     -0.0398218694
     -0.2963623673
      0.1602939259
     -0.2445344399
      0.0352429014
      0.2780262592
      0.2087599996
      0.0253109731
      0.0964973946
     -0.2370993841
      0.1914100593
      0.0042372053
     -0.1351118583
     -0.0145417151
      0.0994085311
     -0.1081161048
     -0.2196020734
      0.1704235897
     -0.4462225702
     -0.1694062268
     -0.0480248349
     -0.1620574270
      0.0035536740
     -0.2750113493
     -0.3896431768
     -0.2552017835
      0.5841665689
      0.2657254746
      0.1648093229
     -0.4984380782
      0.0281682561
      0.0646491807
      0.1999617405
      0.1463335799
      0.1120456449
     -0.5398595883
      0.5943930552
     -0.3111448385
      0.0891160641
     -0.1424876139
      0.0046558443
      0.2218173645
      0.1247545463
     -0.4147480627
     -0.3245759105
     -0.1590058339
      0.1990931537
     -0.4016847748
     -0.3387816822
      0.2358315332
     -0.2701998484
     -0.0214456555
      0.1787851535
     -0.6222465733
     -0.2699018174
      0.1072994304
     -0.1549601760
     -0.3626488023
      0.4612929071
     -0.2707794470
     -0.3382493677
     -0.0832775012
     -0.1166063473
      0.1034323228
      0.2293617403
      0.3374530780
      0.4372133495
     -0.1038546917
      0.3484747203
      0.2079634408
      0.3796647820
     -0.5112165920
     -0.0622686891
     -0.6912636042
      0.0050040185
     -0.1538680893
     -0.1203127271
      0.0356973317
     -0.1453048852
      0.4898911231
      0.1269158087
      0.1988857363
      0.1832131968
     -0.1220462373
     -0.1615360602
      0.0141170483
     -0.2355694152
     -0.2141724930
      0.1992194143
     -0.0157761250
     -0.2112782816
     -0.2185888217
      0.1693062847
      0.0883981285
      0.2042143181
      0.0978492758
     -0.0270751932
     -0.1816695945
      0.2131327015
      0.0240667964
      0.2829895062
      0.2746330829
     -0.1985149205
     -0.0392118238
      0.0763909070
     -0.2539079602
     -0.3507678173
     -0.1715804316
      0.2617148813
      0.0646220415
     -0.0833655571
     -0.0751157864
      0.0658019087
     -0.1952104248
      0.3573849078
      0.1529035777
     -0.2502979575
      0.0570095777
      0.0481794058
     -0.2775947032
      0.1631901759
     -0.0132337314
      0.0282514703
      0.0651847984
     -0.2559877437
     -0.0466938715
      0.2673429601
     -0.0403271923
      0.0403822785
      0.0715396892
      0.1400547134
     -0.2120215086
     -0.3052413949
     -0.0191018634
     -0.0491999637
     -0.4405975195
      0.1632213916
     -0.2699002908
      0.0198197772
     -0.5880673086
      0.0535586003
      0.2470195042
     -0.2790381809
     -0.6628477400
      0.3337184212
     -0.0210246055
      0.0020925362
     -0.3609624759
      0.1067274849
     -0.0936808245
      0.1989871317
     -0.2539577849
      0.0750053529
     -0.2569316076
      0.2236533698
      0.0867293140
      0.2963277479
     -0.3922867047
      0.2414116204
     -0.1897323099
      0.0570439912
     -0.1501352554
     -0.0251024269
     -0.1374197883
     -0.0134275108
      0.1989118535
      0.0510539848
     -0.0594652764
      0.0972494340
      0.2595096073
      0.1296985559
      0.4938261432
      0.0178117994
      0.0194947877
      0.3903305239
     -0.4205116242
     -0.2919020779
     -0.0336417815
      0.2336013608
      0.1737862685
      0.0943561815
     -0.2459114183
      0.3832726763
     -0.3721506617
     -0.0959409674
      0.1619347163
     -0.0542447317
     -0.0278524208
      0.3931947101
     -0.1381157071
      0.2741378210
     -0.1466539390
     -0.0438925724
     -0.4001250488
      0.4010053754
      0.0659095783
     -0.5753957014
     -0.1257664748
     -0.0749540154
     -0.2406167291
     -0.3926894911
      0.0737597434
     -0.3535398524
      0.0480699952
      0.1480142571
     -0.2220679904
     -0.0860733311
      0.1225048140
      0.3523802738
      0.1326328779
      0.2824548413
     -0.4359828790
     -0.1123141179
     -0.5887198639
      0.2446642743
      0.3800340346
      0.2329641307
     -0.0534965636
     -0.1335776579
     -0.3526575578
      0.1013682054
     -0.3086168140
     -0.0440114443
      0.1087927323
      0.0225359578
      0.1835894716
     -0.2782346312
     -0.0685468797
      0.1815924067
     -0.0364438296
     -0.0589025469
      0.1689359196
      0.3275690460
      0.0985790574
     -0.2880491055
      0.1431993650
     -0.1632861104
     -0.1038647152
      0.4460035058
     -0.1904081654
      0.2279496277
      0.1668799405
      0.1327257831
     -0.5315457979
      0.0749053453
     -0.0678075832
      0.1416869088
     -0.6141954357
      0.0733418524
      0.2033857897
     -0.2228123787
      0.0968284453
     -0.3348258732
      0.1610504415
     -0.1325908571
     -0.0457527558
      0.0655571767
     -0.1838532271
      0.0915969815
     -0.0597200706
     -0.1811739942
     -0.3434683315
      0.2153332826
     -0.1548496835
      0.2807442583
      0.0651521431
      0.0808942186
     -0.5365461402
      0.2652099471
      0.0682351005
      0.1037722123
     -0.3593611878
      0.2760227758
     -0.2859952300
      0.1010821587
     -0.2003920602
     -0.1443995730
     -0.3761286712
      0.5415693119
     -0.1195032572
      0.1043137715
      0.0153242143
     -0.0754623526
     -0.4755942714
     -0.2486199656
     -0.1211334065
     -0.4406814503
     -0.1358837340
      0.0692242922
      0.0500707840
      0.2215030428
     -0.3031739402
     -0.2548515155
      0.1519144077
     -0.1770093871
      0.2332776863
     -0.0721954757
      0.3535215663
      0.2118635165
     -0.0380194947
      0.2653117437
      0.2425406516
     -0.0578190236
     -0.1749238232
     -0.3963372280
     -0.1327290444
     -0.4817873465
      0.0706218262
     -0.1159845865
     -0.3402242737
     -0.0266103688
     -0.1198544524
      0.1956865380
     -0.3684831079
      0.0780049032
      0.3086934078
      0.3339379305
     -0.0897925501
      0.0747309661
      0.2008821467
     -0.2735159838
     -0.4447742092
     -0.2336624697
      0.2380912611
     -0.2431042376
      0.0336182794
      0.1867115031
     -0.0051602515
      0.2990413277
      0.2164756878
     -0.0206136109
     -0.3352814094
      0.3625999169
      0.0564252903
     -0.1264110799
      0.1632700285
      0.0758438076
      0.0216703519
      0.2403381690
      0.1226140887
      0.1549460074
     -0.1511616240
      0.1662317172
      0.0568251228
     -0.1192657920
      0.1485897026
     -0.2404645808
     -0.1287300334
      0.0691841798
     -0.1553218527
      0.3465705952
      0.1730992641
     -0.1990054118
      0.1345202476
      0.2737354146
      0.3325147509
     -0.0760556780
     -0.2766453839
     -0.1777232235
     -0.0092595653
      0.0492909160
      0.0980431635
     -0.2926428482
      0.3428727893
     -0.1382250852
      0.3435371180
     -0.2842810046
      0.1477807646
     -0.3751707766
     -0.0876128945
     -0.4386626382
      0.0787704989
      0.0955521928
      0.0613561458
     -0.0139824043
     -0.0752091710
      0.0153860703
      0.1274675362
      0.2160210515
      0.2788639141
     -0.0885710848
     -0.1687970395
      0.3315084422
      0.1950431239
      0.2944945709
     -0.2285901686
     -0.3024277748
     -0.1022089281
     -0.4197587796
      0.0039103127
      0.1073309308
     -0.1503584424
      0.2358533590
      0.0376686981
      0.0105587865
      0.1990899222
     -0.4595490815
      0.2294769506
     -0.0282351515
     -0.0376576843
     -0.4280269446
     -0.0188807018
     -0.0432729026
     -0.5223862441
     -0.4221736095
      0.0772734893
      0.4458005045
     -0.0510473485
      0.0999832147
      0.1195148958
     -0.1018427266
      0.3913533799
     -0.0162077949
      0.2148329489
     -0.0939958711
      0.0753910451
     -0.0236623457
     -0.1610760974
      0.3141151496
     -0.0683494365
      0.1264986435
      0.3523991530
      0.1110264855
     -0.5482140643
     -0.1950298320
     -0.2631122252
     -0.1200147752
      0.0191928688
      0.1085139992
     -0.3868431795
     -0.0148434548
     -0.3323794422
     -0.1785653231
     -0.0360053728
      0.6887021770
      0.5454128380
      0.3855617879
      0.0391438239
     -0.3834322616
      0.4879120889
     -0.2678612626
     -0.2308156560
      0.1331882578
      0.0741854648
     -0.1511847985
      0.3988402030
     -0.0867289748
     -0.4121174745
      0.1030079413
      0.0302755232
     -0.1023945335
      0.2630241098
     -0.2223350773
     -0.3504153676
      0.0365634056
     -0.2192099036
      0.4737942768
     -0.2904935847
      0.2221823214
     -0.1224557586
     -0.1908250058
      0.4486290399
      0.2496828290
     -0.1912794909
      0.2386727442
      0.3861949784
      0.1215051378
     -0.2237858417
      0.3095692167
     -0.5693003986
      0.4895073410
      0.1607748956
     -0.1611065616
      0.0674809342
      0.6691106086
     -0.0881440771
     -0.0629047824
     -0.2679653926
      0.1833274458
      0.3117034073
     -0.0056941092
      0.2280241020
      0.2845206149
      0.9654258649
      0.1016885604
      0.2454101325
      0.0136025484
      0.3890388610
      0.1288937069
     -0.2218762881
      0.3572411102
     -0.1146904190
      0.2943128909
      0.4466747742
      0.1398870866
     -0.0816820265
      0.2256452445
      0.5328633984
      0.1112818963
      0.3973989342
      0.0806584563
     -0.2369542133
      0.3022393211
     -0.0833435690
     -0.0611121821
      0.0720702661
     -0.1912735145
      0.0097236634
      0.2191223770
      0.0817212200
      0.3524313568
      0.0801165452
      0.1174011275
      0.1884544270
     -0.1849703748
     -0.3584296910
     -0.1855401996
     -0.0869725572
     -0.1152460146
     -0.2055903441
     -0.2826836671
      0.0525478893
      0.1289299973
      0.1097751957
     -0.0209549842
     -0.1928587799
     -0.4026956852
     -0.2842450546
      0.1394949684
     -0.1815080827
     -0.3236680315
      0.1313013219
      0.1887560280
      0.2011471467
      0.2899374868
     -0.2156968424
     -0.0663869070
     -0.0014126566
     -0.2046943449
     -0.0623236460
     -0.0726896025
      0.0465582747
     -0.1951841696
      0.2447542035
      0.0208715188
     -0.0565357390
      0.1127260050
      0.0168106129
      0.1393785351
      0.2064326906
     -0.7151520114
      0.0526848589
     -0.3091987663
      0.0301970378
      0.1727659057
      0.4184808468
     -0.3289286511
     -0.3702875331
      0.0174081105
     -0.4951008423
     -0.2638227842
      0.1619740294
     -0.1496256615
      0.1208886019
      0.1863982140
      0.3047757645
     -0.0248890799
      0.0241559735
     -0.1259044138
     -0.3276196921
      0.2263241521
     -0.1017969752
      0.0552459108
      0.1789950717
     -0.2330980077
      0.0252575534
      0.1995248573
      0.0883964057
     -0.0458590546
     -0.2799519863
     -0.3640025625
      0.3501418625
      0.0586654409
     -0.1778943685
      0.1539427978
     -0.2819236372
      0.2079057811
     -0.3020922358
      0.0077698560
      0.0176483352
     -0.2834845240
     -0.3813268682
     -0.2501785576
     -0.2450687677
     -0.3799420919
     -0.1929263956
      0.1788817109
     -0.3151948648
      0.2919144159
     -0.1279160115
     -0.1933011156
     -0.1956277818
      0.2512311436
     -0.6612628483
     -0.3640172723
      0.2758895364
     -0.0724464561
     -0.0644153120
     -0.3275519997
      0.0369529825
      0.1549751384
      0.0946798198
     -0.0426299861
      0.4126340786
      0.0058385870
     -0.4012749148
     -0.2711234829
     -0.2116025838
      0.1259806959
     -0.1691376864
     -0.1137710651
      0.2693462205
     -0.5813501321
     -0.1449375463
      0.0310285218
      0.2852903430
     -0.0445501464
     -0.0496951765
      0.2016724696
     -0.1879953466
     -0.2116951243
     -0.1085326936
     -0.2721251452
      0.0271254868
      0.0914043350
      0.4969656292
     -0.5796270902
     -0.1702212208
     -0.0520915812
     -0.2286326062
      0.1240804780
     -0.3546423823
     -0.0952128453
     -0.3020736652
      0.1728626056
     -0.1303522526
     -0.3624371840
      0.0839056690
     -0.1318517725
     -0.0464202470
     -0.2036963246
     -0.2573231983
      0.0922051189
     -0.0237300604
     -0.3065440667
      0.6131527637
      0.2961314258
     -0.0028193096
      0.2996424527
      0.3859457667
     -0.2637608721
     -0.0773051366
     -0.2307158002
     -0.0906157645
      0.1862923319
     -0.4133987695
      0.3537065925
      0.0810824524
     -0.1129199485
     -0.1144322863
     -0.2389600161
      0.0203195555
     -0.1243996932
      0.0255703665
     -0.2168886129
     -0.0900751679
     -0.0087664412
      0.1842155680
      0.1307704316
     -0.0809987434
     -0.2003231843
      0.0691762249
      0.3676493292
     -0.3516930861
      0.1803205736
     -0.0446595991
      0.0153892622
     -0.3910156152
      0.1028220835
      0.3840523957
      0.0571220701
      0.2583289051
      0.2174629906
      0.5071935636
     -0.5640175556
     -0.0283310395
     -0.2816771371
      0.0171856770
      0.1157895618
     -0.0322153405
      0.3558823473
     -0.4970221427
     -0.1176200761
      0.0933156782
     -0.1103180348
     -0.0267308036
     -0.2337844269
      0.0431046354
     -0.0636653399
     -0.1955110976
      0.1762227297
     -0.4879688970
     -0.4209425958
      0.0405605080
      0.2190171570
     -0.2436410968
      0.6787881133
     -0.2068197333
      0.1378070303
      0.3177455135
      0.1569845593
     -0.0996973484
      0.0980197216
      0.1770191075
      0.0675256849
      0.0058558115
     -0.0876658117
      0.2045463535
      0.2718750186
      0.0745105348
      0.3375576836
      0.0913233829
     -0.0952467661
      0.0388057643
     -0.1179056816
      0.1314166881
      0.0676263278
     -0.1067754583
     -0.0030886856
     -0.1272867949
      0.5445066534
     -0.0204616955
      0.4505999435
     -0.0453598619
      0.0060363886
      0.1431822510
     -0.1646624907
      0.0979727809
     -0.3448571896
      0.0210795858
      0.0904216856
      0.1079990014
     -0.2974852523
     -0.0552024453
     -0.0861770813
      0.0532367370
      0.1933963942
     -0.3000358587
      0.0378437779
     -0.1238202230
      0.3101165777
      0.5629508650
     -0.1772416176
      0.3153019820
      0.6465932985
      0.0899030587
     -0.1973628326
      0.6233967484
      0.0366691855
      0.2125514680
      0.0915864020
     -0.2959175878
     -0.4956479549
      0.4271097372
     -0.3359131200
      0.1608974910
      0.0419349239
     -0.3061147790
     -0.3738556679
      0.0077639266
     -0.2708643062
     -0.1376170833
      0.2522803241
     -0.2296696560
      0.0260027034
      0.3018905955
     -0.6232248391
     -0.1810733210
     -0.1333633646
     -0.0006553829
      0.3830408652
      0.0050102784
     -0.2576803661
      0.5958926940
      0.3217402629
      0.2956123425
     -0.1062228159
     -0.8316215216
     -0.7736802592
      0.1563964839
     -0.0227940991
     -0.0605637100
     -0.2242135350
     -0.0178650520
     -0.0310368754
      0.2317138379
      0.0515251070
      0.3098345055
      0.3841141840
      0.0056704298
      0.2609568889
     -0.0118967082
      0.0966174520
     -0.2030632627
      0.2523501002
     -0.1288304857
     -0.1817973316
     -0.1500800333
     -0.0133174977
      0.3699155230
     -0.1012174889
     -0.3638551226
      0.1024093607
     -0.0575022162
      0.2538573789
     -0.1201599393
      0.2157894689
     -0.0898946552
      0.0739236333
     -0.0828099926
     -0.2356879599
     -0.3131836093
     -0.0469108520
      0.3365736481
      0.2222191683
     -0.0311606224
     -0.1709269706
      0.2171207693
     -0.2891695854
      0.2414920667
     -0.1229052265
      0.0271648696
      0.2884287514
     -0.1578280194
     -0.2834164925
     -0.0482593733
      0.1960221282
      0.2659234305
      0.1836413058
      0.2235073042
      0.0783587577
      0.3298074169
     -0.2679276823
      0.0484336497
      0.3054100914
     -0.3740400959
      0.1048743013
     -0.3967056657
      0.0686495093
     -0.4326198096
      0.0703383625
     -0.2784491341
     -0.1156804882
      0.1987026117
      0.0982240829
      0.2981936431
     -0.4258261396
      0.3742802987
     -0.4593311300
      0.2947390553
     -0.2758396979
      0.3038537902
     -0.2182033622
      0.0831030756
     -0.0201346239
     -0.2430053473
     -0.0868206621
      0.3323660017
      0.1627934367
     -0.0645756188
      0.1040794767
      0.0321951888
     -0.3396600778
      0.2850249469
      0.1411030278
     -0.0186316538
     -0.0869882768
     -0.4276367857
      0.2827303964
     -0.1225674878
     -0.0222148127
      0.2787458581
     -0.0999363443
     -0.0574354527
     -0.0232083220
     -0.2193514766
     -0.0427609188
      0.0846459740
      0.6169512580
      0.1793047396
      0.0234095177
      0.0385107215
      0.3695386479
     -0.1290916108
      0.1956074696
     -0.0688407116
     -0.0126426040
      0.1242972054
     -0.2336841567
     -0.3848021230
      0.0857313665
      0.0974284265
     -0.0417255611
     -0.0451940447
      0.1688570220
      0.1330464907
      0.0428024735
     -0.0305127684
      0.0701112769
      0.3366142014
     -0.1105742773
     -0.4897812724
      0.2567117241
     -0.0985504101
     -0.0604001007
     -0.1093588877
     -0.2414268173
      0.0375980957
     -0.0974723454
      0.2076347667
      0.2650933084
      0.4402335129
      0.1518407697
     -0.1806830450
     -0.2522787272
     -0.2020368424
      0.1278501880
     -0.1737792603
     -0.3701311080
     -0.0952649091
      0.0046375134
     -0.0231487240
      0.2806312451
     -0.0584325560
     -0.0118977627
     -0.0766717626
     -0.1100686373
      0.0692324603
      0.1594158004
      0.0969232119
     -0.1815394134
     -0.0161417106
      0.3335178369
     -0.0888534020
     -0.1673689571
     -0.1183670238
      0.5917428797
      0.1617582888
      0.2157818684
     -0.4263058507
     -0.0996568936
     -0.0287002165
      0.2911364663
     -0.1238714011
     -0.0224446242
     -0.3199961809
     -0.0123836500
     -0.1066441561
     -0.3776844768
     -0.1054343917
      0.1476727510
     -0.1178230916
     -0.0509953007
      0.0888422803
     -0.0380712826
      0.3812566861
     -0.0617537879
     -0.1918721302
      0.3560966856
      0.3263164938
     -0.3912025559
      0.0291186409
     -0.0131736625
     -0.0440359443
      0.0409823058
     -0.1259533835
     -0.2647079228
      0.1389695307
     -0.4727874995
      0.1176008263
      0.3633394063
      0.1861089999
     -0.2496739538
      0.1421872963
      0.4025422500
      0.0274038326
      0.1758291836
      0.3804382726
      0.3170560196
      0.3065343236
      0.3870170226
      0.2037151163
     -0.0706678082
     -0.5577470009
      0.7175238873
      0.3026279799
      0.1401051708
     -0.4113491079
      0.2927882135
     -0.2385367201
      0.1033895810
     -0.3344942394
      0.1324171351
     -0.2066355059
      0.0896527013
      0.2793461888
     -0.1816400601
      0.0546424788
      1.1148404200
     -0.2544151768
      0.1717996328
     -0.1252199743
      0.1359990276
     -0.4524766876
      0.3302383701
      0.5644464544
      0.0157731458
     -0.0652532927
      0.2391605394
      0.1406233841
     -0.1566529884
     -0.0514251628
      0.0374588986
     -0.0852631618
     -0.1337062057
      0.2185228302
      0.3742446543
      0.2947158533
      0.0667907183
      0.2551110073
     -0.1108420543
     -0.1684773526
      0.0247879534
      0.2666357130
     -0.0200924642
     -0.2078022474
      0.2499971975
     -0.1054867916
     -0.1469312323
      0.0098928013
     -0.4537958094
     -0.3172532721
      0.1226755778
     -0.2706532826
     -0.1839348940
      0.0694378769
     -0.3557592703
     -0.0956114938
      0.4399286785
      0.0039742504
     -0.0924134113
     -0.2472383390
      0.2047185735
     -0.1927758967
      0.0035911988
     -0.1401204599
     -0.3529581146
      0.2229382034
     -0.0780478926
     -0.0999438546
      0.0301035924
     -0.0588787953
     -0.4420118640
     -0.3803884882
     -0.1792014653
     -0.2223882452
     -0.2802327215
      0.5479660985
     -0.4532581948
     -0.5187617102
      0.1515613384
      0.2074279483
      0.0211706726
      0.2039001488
     -0.0836590157
      0.0339730989
      0.1748559849
      0.3120258325
     -0.1603239626
      0.1645551210
      0.1936258299
     -0.1723616480
     -0.1840169032
      0.3510569538
     -0.0570165972
      0.3198329426
      0.3584774042
     -0.0700568813
      0.0638329898
     -0.0339721520
     -0.2527602115
     -0.0471751115
     -0.4028524697
     -0.6894440623
     -0.6502287356
      0.1009294797
     -0.2413295990
      1.0372884214
     -0.0592299376
      0.0662253260
     -0.0729071358
      0.5642484068
     -0.3651904426
     -0.3221105690
     -0.4214479027
     -0.4143048895
     -0.3274508394
     -0.5718087918
      0.0732808656
      0.9642191492
     -0.0064725506
      0.1578641171
      0.2205719574
     -0.1503574601
     -0.4392756385
      0.2519275692
     -0.2222184292
     -0.2407261473
      0.1266863557
     -0.2559499468
      0.0017513483
     -0.0190077116
     -0.2569951836
     -0.0102343450
     -0.0994585794
      0.1506390796
      0.0019248699
     -0.1543210552
      0.1059215275
     -0.0307670402
      0.3421632914
      0.2687613220
      0.0860144200
     -0.2360483113
      0.4273238110
      0.1838860866
     -0.2000634969
     -0.5973199332
      0.1671542936
     -0.0940085259
      0.0058251897
     -0.2500317884
      0.2993788027
      0.0392879011
     -0.1494848449
     -0.0711784727
     -0.0005772621
     -0.3738344697
     -0.0396927473
      0.4590204854
      0.1245591667
     -0.0101285597
      0.6818042738
      0.8655291094
     -0.2799139852
      0.0783840921
     -0.3159862273
     -0.0053270705
     -0.2119633685
      0.4944223348
     -0.1547374740
      0.2369718979
     -0.1681944459
      0.2974904208
      0.3353949389
      0.0699779129
     -0.4572412243
     -0.3638457011
     -1.7400143653
      0.2577451085
      0.0339808077
      0.3224342461
     -0.2561610373
     -0.0422373921
     -0.0002339041
      0.0550506534
     -0.0521170291
      0.2100504597
     -0.2016359826
     -0.2614346275
     -0.3579707838
     -0.0322708388
     -0.1518548311
      0.0292353993
      0.3053475347
     -0.2151270263
     -0.3174391391
      0.1089710684
     -0.2442629050
     -0.3124354919
     -0.2458684681
     -0.1250721977
      0.0274514081
     -0.0192896464
      0.1812912759
     -0.0157852227
      0.1879147109
     -0.0005476130
     -0.1163772440
     -0.3020988586
      0.1970646509
      0.2186084819
     -0.0058525161
     -0.1269368609
      0.0809343181
     -0.0538559089
      0.0388633925
     -0.2398822538
     -0.1544842385
      0.3245689621
     -0.2411155666
     -0.0048120349
      0.2441140839
      0.2826594509
      0.4548173154
      0.3980590239
      0.2476057283
     -0.5796822891
      0.4303857437
      0.1908082721
      0.0221628887
      0.0912764440
     -0.1503284338
     -0.4349772752
      0.2790875258
      0.1329700573
     -0.0897616864
      0.4409343056
     -0.1169346576
     -0.2020110297
      0.1690063918
      0.0856757204
     -0.0304949310
      0.6265266855
     -0.1421194799
     -0.0628823723
      0.7372694668
     -0.3651749569
      0.3634421613
      0.3061256399
      0.2041410205
     -0.3916425875
      0.4291721784
     -0.5401229418
      0.2023723597
     -0.1803115467
      0.7370328953
      1.0365858878
      0.3592720218
     -0.5571170311
      0.2249882612
     -0.1143522673
     -0.0594926462
      0.2049988439
     -0.1876087935
     -0.1481450624
      0.3511412533
     -0.4036169417
      0.2865684736
      0.4182465994
     -0.3165395601
      0.0251638388
     -0.0533145024
     -0.1559683108
     -0.3594596634
      0.0394861298
      0.0151259899
      0.2654829150
      0.0696837771
     -0.1808973896
     -0.0925319142
      1.1849803727
      1.1965893270
     -1.0856305528
     -0.3441028679
      1.1420282355
     -0.3562368468
     -1.0832683946
     -0.1748144543
      0.9941718233
     -0.3536897995
      0.5025602656
     -0.0661050359
     -1.0351642626
      1.0190918116
     -1.2908212273
      0.0153029202
     -0.8795831569
      0.3835166090
     -0.7986939046
     -0.0532778747
     -0.8964678554
      0.0232623059
      0.0899188955
      0.7534155529
     -0.2786436496
     -0.2070900687
     -0.3787935423
     -0.0109425583
     -0.8146011946
     -0.4836496453
     -0.4373380458
      0.3916711535
     -0.3709480750
     -0.3737522256
     -0.1200402356
      0.5408689697
      0.0479031437
      0.2158937543
      0.5747580538
      0.6466692154
     -0.0379897877
      0.5765562531
     -0.1327779501
     -0.1207201572
     -0.5723668299
     -0.3323008555
     -0.5373555540
      0.5458805299
     -0.4646192196
      0.1521794311
      0.2622888214
      0.4999704818
      0.0944274276
     -0.3531662554
      0.1703122163
      0.7327116062
      0.3103133956
     -0.5041030878
      0.2015378195
     -0.1339567659
     -0.1872226747
     -0.5520320851
      0.5613494296
      0.0712487552
     -0.5075615160
      0.2158846871
      0.2327563022
      0.0761241966
     -0.4933435698
     -0.2037629106
      0.6093800749
      0.1779523350
     -0.2025066257
      0.4016090591
      0.2808772367
     -0.3720763595
      0.3592035915
      0.1761777382
     -0.5682186024
      0.3760003699
      0.4378859171
      0.3443761817
      0.7290001535
      0.9746685830
     -0.1523443280
     -0.1415706350
     -0.8106538909
      0.6991134735
     -0.1262930597
      0.1622610171
      0.2991111463
      0.4542042733
     -0.3716089556
      0.4956181465
     -0.2408801780
      0.5518722258
     -0.1711994695
      0.2623793426
     -1.0303943330
     -0.4950861729
      0.1200727513
     -0.4268738301
     -0.3620357153
      0.1523674110
     -0.1121799234
     -0.1252942646
     -0.7629662361
     -0.0813170414
     -0.2143284594
     -0.5238847796
      0.3517344352
      0.7824894710
      0.6091873633
      0.4326521960
     -0.6017763792
      0.0199982824
     -0.5735265115
      0.5884302138
      0.6882891355
      0.6557441985
      0.3218473066
      0.1630689470
     -0.3572021792
      0.3930245740
      0.4404093755
      0.4925283987
      0.4993507268
      0.7946557932
      0.1918495194
      0.5248231041
     -0.1359795125
      0.1434585214
      0.3042040019
     -0.0046757139
      0.1231206472
      0.3400350162
     -0.0002085928
     -0.6614036199
      0.2749207842
      0.8595400292
     -0.2891929887
     -0.6965280103
      0.7209770802
     -0.3994416784
     -0.6487644787
     -0.4152550425
      0.0615012846
      0.0778569121
      0.0476147933
     -0.7092363795
      0.5085403326
      0.1404613127
      0.3380802169
     -0.5044573921
     -0.1623813849
      0.4552729120
     -0.8247244480
     -0.2888292134
     -0.0389133975
     -0.3907376975
     -0.4502903708
     -0.1430754606
      0.4692616441
      0.3854864256
      0.1309292244
      0.4146565647
      1.1326581629
      0.4464962867
     -0.2702009808
     -0.3384922777
     -0.2284708373
     -0.1726142290
     -0.1333829839
     -0.3446716381
      0.4203288585
      0.7279259706
      0.5712224349
     -0.5695328740
     -0.6738689476
      0.4800360220
      0.7877960729
     -0.6120358900
      0.1108123726
      0.4582247696
     -0.1836937777
     -0.1428809800
     -0.2464958239
      0.2844291688
      0.6431774367
     -0.3517324422
      0.1833072927
     -0.5223906540
     -0.4998003807
     -0.2665475649
      0.1344079285
      0.3830567613
     -0.8850385497
     -0.2215828340
      0.1182796393
      0.1315764179
     -0.4444917834
     -0.6207720981
      0.0862792461
      0.2057421243
      0.5658557053
      0.0086840434
     -0.2740130997
      0.2048029195
     -0.3559267417
     -0.3095323317
      0.2781763654
      0.2749972387
     -0.7253023921
     -0.6168746999
      0.1271482862
     -0.1649676485
      0.3328003904
      0.3117464604
     -0.0558058981
      0.4308572135
      0.6622164743
     -0.3240648828
      0.7448336315
      0.7205792299
      0.1315495752
      0.0486499822
      0.2129526238
     -0.5497759784
     -0.0651280941
     -0.3439293649
     -0.3245336507
      0.2145862765
     -0.6026293906
      0.0871786162
     -0.6833002949
      0.3898725057
     -0.3148019534
     -0.2256654074
      0.1313734441
      0.1462492457
      0.2841403129
      0.1522351782
     -0.5751997500
     -0.2816239668
     -0.6752160457
      0.1915180274
      0.0745882936
     -0.0464954252
     -0.6483696795
      0.6211359760
      0.5803370673
      0.1267575004
      0.1161283581
      0.3522222739
     -0.6437142533
     -0.0755747458
     -0.2176430945
     -0.0362078447
     -0.1868664629
     -0.1867431329
      0.7895077204
     -0.5101091118
      0.1016183852
     -0.3775296357
     -0.6313433310
      0.2848403107
      0.2218108192
     -0.1742779560
      0.0389437933
      0.5322702390
     -0.2720892714
     -0.4826451343
     -0.1178824550
     -0.7350866485
     -0.1297896888
      0.1297607133
     -0.2455385706
      0.0224192844
      0.4740537819
     -0.2135305327
     -0.4436312041
      0.3757300595
     -0.6482221866
     -0.0365578945
      0.0158550698
      0.2891032186
     -0.6663995973
      0.3304059151
      0.0482420735
      0.3330879134
      0.3176205937
      0.4152176608
     -0.0096509618
      0.4029164507
     -0.3911173659
      0.3659696396
      1.1200272393
      0.1653247860
     -0.2518649682
     -0.1736041196
      0.1976909887
      0.1405222396
      0.8315856956
      0.6755499872
     -0.5529172853
     -0.5093105957
      0.0449996940
      0.0881583411
     -0.5633366528
      0.4487681164
      0.1092879462
     -0.3428454289
      0.2061424561
     -0.5739265687
      0.4261137330
      0.2936625840
      0.3632082595
     -0.6350714226
      0.1671441554
     -0.1065431267
      0.2552404938
     -0.2328872693
     -0.0302067535
     -0.3143214709
     -0.2010306199
      0.2048348325
      0.6077305845
      0.8433327365
     -0.7780907047
     -0.0667097315
      0.4190199631
     -0.4572742623
     -0.5258742064
     -0.0662200840
     -0.0474082850
     -0.8856806306
      0.4357509583
      0.2548611736
      0.6994319712
      0.5762255568
     -0.7246966148
      0.4677052209
     -0.0393931598
      0.1023851666
      0.6022309875
      0.1690977142
      0.2245904696
     -0.6117307385
     -0.3325903526
      0.4897160549
     -0.4008432529
      0.6437844017
     -0.4429036374
      0.2620280854
      0.3046616767
      0.7679769717
      0.2641932616
      0.4925021799
      0.8447506276
      0.2651375544
     -0.5774850523
      0.4278764795
      0.9283357416
     -0.6082969505
     -0.5917982471
      0.3402089140
      0.3859004355
     -0.1535135555
      0.2951402152
     -0.1723016394
     -0.2847147399
     -0.2618766613
      0.5851026727
     -0.2998779614
     -0.4098795447
      0.2283285224
     -0.3237540389
      0.3966496363
      0.2116492681
     -0.3256444087
      0.1751190273
     -0.2918921415
     -0.2294523234
     -0.4472816012
     -0.4587702040
     -0.3580720777
      0.5010772923
      0.9835462250
      0.6040613443
     -0.2347132994
     -0.5356602334
      0.6538137794
      0.8657056181
     -0.2288143816
      0.1266275083
      0.5374048536
     -1.0180575414
      0.1301739130
      0.8788774778
     -0.3326682358
      0.2155792915
      0.3902129255
     -0.5100713728
      0.2513680714
      0.0713792978
     -0.1480161924
      0.0158033610
     -0.0783350441
      0.2547320168
      0.1136064881
     -0.2632541773
      0.0523988445
      0.0525499432
      0.3292662350
      0.3211319818
     -0.8719372249
      0.6725435776
     -0.8030979331
     -0.1640279519
     -1.1224710507
     -0.0961523809
     -1.3815138278
     -0.0692641753
      0.6447513838
      0.6010154184
      1.3635101488
     -1.2388833472
      1.3206685021
     -0.9537805981
     -0.3343217109
      1.3685146688
     -0.9984875936
     -0.0093577389
     -0.9793474445
      0.8078954488
      0.2500094856
     -0.4759327644
     -0.6865015317
     -0.1857900190
      0.0954283433
      0.0418168133
     -0.0304662433
      0.1814882396
      0.0559739088
     -0.0155264336
      0.0458060984
     -0.2796797672
     -0.2642983650
      0.1268030027
     -0.0208396145
     -0.0030087744
      0.0749853815
      0.0596119822
     -0.0831321086
      0.0222009366
     -0.1109559845
     -0.0597781644
     -0.0459264347
      0.1006070060
     -0.1278802928
