################################################################################
# Neural network connection values (weights and biases).
################################################################################
# Col  Name       Description
################################################################################
# 1    connection Neural network connection value.
# 2    t          Connection type (a = weight, b = bias).
# 3    index      Index enumerating weights.
# 4    l_s        Starting point layer (end point layer for biases).
# 5    n_s        Starting point neuron in starting layer (end point neuron for biases).
# 6    l_e        End point layer.
# 7    n_e        End point neuron in end layer.
################################################################################
#                      1 2         3     4     5     6     7
#             connection t     index   l_s   n_s   l_e   n_e
############################################################
 -1.2695417265595291E-01 a         1     0     1     1     1
  7.5039325161227810E-01 a         2     0     1     1     2
 -1.8470691250003781E+00 a         3     0     1     1     3
  9.2849264684711463E-01 a         4     0     1     1     4
 -3.0381077054207251E-01 a         5     0     1     1     5
 -1.3222161261278692E-01 a         6     0     1     1     6
 -1.3569747112250192E+00 a         7     0     1     1     7
  3.5855844540039103E+00 a         8     0     1     1     8
 -9.9183676516731967E-01 a         9     0     1     1     9
 -1.4009927295558091E+00 a        10     0     1     1    10
 -1.1334741410054508E-01 a        11     0     1     1    11
  3.7200252073993423E-01 a        12     0     1     1    12
  3.5982543185099387E+00 a        13     0     1     1    13
 -9.1586188447750483E-01 a        14     0     1     1    14
 -9.9594468600070485E-01 a        15     0     1     1    15
  1.7357912476042592E+00 a        16     0     1     1    16
  9.2923587936805585E-01 a        17     0     2     1     1
  1.9865037536452179E+00 a        18     0     2     1     2
  2.3201879508721777E+00 a        19     0     2     1     3
 -3.7350464675990023E+00 a        20     0     2     1     4
 -4.3511348766701397E-01 a        21     0     2     1     5
 -3.6368753341054949E-01 a        22     0     2     1     6
  1.4673644272357282E+00 a        23     0     2     1     7
  2.5613999920716723E-01 a        24     0     2     1     8
 -9.3247552767681563E-01 a        25     0     2     1     9
  3.1289704456417575E+00 a        26     0     2     1    10
 -1.5881844675125746E-02 a        27     0     2     1    11
 -8.5573965620867509E-01 a        28     0     2     1    12
  8.1643995667203806E-01 a        29     0     2     1    13
  2.2854887052351258E-01 a        30     0     2     1    14
  7.4493757808574435E-01 a        31     0     2     1    15
  2.1430962569878231E-01 a        32     0     2     1    16
 -2.5902080704819266E+00 a        33     0     3     1     1
 -2.2919089918897573E+01 a        34     0     3     1     2
  2.9533591592994402E+00 a        35     0     3     1     3
  2.0200330085404545E+01 a        36     0     3     1     4
 -3.2977705882993185E+00 a        37     0     3     1     5
 -5.6233429376233524E+00 a        38     0     3     1     6
 -8.9394095585377897E+00 a        39     0     3     1     7
  3.9104888255447903E+00 a        40     0     3     1     8
  1.0256002058437971E+01 a        41     0     3     1     9
 -1.1803832445760179E+01 a        42     0     3     1    10
  7.9675435584088365E+00 a        43     0     3     1    11
  2.2844872616940002E+00 a        44     0     3     1    12
  6.3934261484505583E-01 a        45     0     3     1    13
 -5.5212943701700077E+00 a        46     0     3     1    14
  8.8054537299722622E+00 a        47     0     3     1    15
 -1.3145996821015797E+00 a        48     0     3     1    16
 -2.3010290781199814E+00 a        49     0     4     1     1
  3.3805901431607076E+01 a        50     0     4     1     2
 -1.1713106725177376E+01 a        51     0     4     1     3
 -3.2532645127001729E+01 a        52     0     4     1     4
  6.2464589343803505E+00 a        53     0     4     1     5
 -4.2191951097077274E+00 a        54     0     4     1     6
  2.0096601686884217E+01 a        55     0     4     1     7
 -1.1206833240787539E+01 a        56     0     4     1     8
 -9.0403257766392766E+00 a        57     0     4     1     9
  2.0453971817401065E+01 a        58     0     4     1    10
 -1.4792805550474313E+01 a        59     0     4     1    11
 -6.6167289037405674E-01 a        60     0     4     1    12
 -4.8071245717690649E+00 a        61     0     4     1    13
  2.5810171294330964E+00 a        62     0     4     1    14
 -9.9717875396100286E+00 a        63     0     4     1    15
  2.7661198330096566E+00 a        64     0     4     1    16
  2.0230757588134615E-01 a        65     0     5     1     1
  6.3872146977751587E-01 a        66     0     5     1     2
  7.9367435413851972E-01 a        67     0     5     1     3
 -5.6115226287119313E-01 a        68     0     5     1     4
  3.0048853235032219E-01 a        69     0     5     1     5
  6.3296391219151527E-01 a        70     0     5     1     6
  1.0806122663374862E+00 a        71     0     5     1     7
 -1.7614262962924772E+00 a        72     0     5     1     8
  7.5384942149691470E-01 a        73     0     5     1     9
  1.0461219416033525E+00 a        74     0     5     1    10
 -1.7791836008301434E-01 a        75     0     5     1    11
 -3.2783203864521682E-01 a        76     0     5     1    12
 -1.7893582741710605E+00 a        77     0     5     1    13
  4.6861863631744155E-01 a        78     0     5     1    14
  5.5731236768075687E-01 a        79     0     5     1    15
 -1.0063676698074357E+00 a        80     0     5     1    16
 -1.2805989178505767E-01 a        81     0     6     1     1
 -3.6053492325212905E-01 a        82     0     6     1     2
 -5.6235497837878852E-02 a        83     0     6     1     3
  5.9156595668714085E-01 a        84     0     6     1     4
 -4.2101191058323040E-01 a        85     0     6     1     5
 -9.0912494851798153E-01 a        86     0     6     1     6
  1.8073285407296955E-02 a        87     0     6     1     7
 -6.9896588593357101E-01 a        88     0     6     1     8
  7.6234940088905445E-01 a        89     0     6     1     9
 -8.3497720791208985E-02 a        90     0     6     1    10
  4.6171869316686004E-01 a        91     0     6     1    11
  2.1730726280465634E-01 a        92     0     6     1    12
 -3.8941373256916811E-01 a        93     0     6     1    13
 -3.1529360014070462E-01 a        94     0     6     1    14
  7.4774213195430497E-02 a        95     0     6     1    15
  6.3678986837361551E-01 a        96     0     6     1    16
  3.8886532382145180E+00 a        97     0     7     1     1
 -1.7021687171183864E+01 a        98     0     7     1     2
  1.6526735749837425E+01 a        99     0     7     1     3
  2.0031996608380375E+01 a       100     0     7     1     4
 -7.9850633829358451E+00 a       101     0     7     1     5
  1.1639547349296047E+01 a       102     0     7     1     6
 -1.6227080469925074E+01 a       103     0     7     1     7
  1.1355635637990348E+01 a       104     0     7     1     8
  5.0979045094571152E-01 a       105     0     7     1     9
 -1.4487295812222078E+01 a       106     0     7     1    10
  1.3191499542777887E+01 a       107     0     7     1    11
 -3.3843814783275716E+00 a       108     0     7     1    12
  7.8561968240945683E+00 a       109     0     7     1    13
  2.3344267962169400E+00 a       110     0     7     1    14
  1.6503368195342330E-01 a       111     0     7     1    15
 -2.1689908902811741E+00 a       112     0     7     1    16
 -1.6434379428432797E+00 a       113     0     8     1     1
  4.4862362618471261E+00 a       114     0     8     1     2
 -9.5021698559714149E+00 a       115     0     8     1     3
 -7.2280729966296571E+00 a       116     0     8     1     4
  4.8424327651254400E+00 a       117     0     8     1     5
 -5.7920012230724387E+00 a       118     0     8     1     6
  5.7458865668257033E+00 a       119     0     8     1     7
 -5.5526711160497992E+00 a       120     0     8     1     8
  2.6914855015417349E-01 a       121     0     8     1     9
  5.7379903940625177E+00 a       122     0     8     1    10
 -6.3106281014563388E+00 a       123     0     8     1    11
  2.1910202772329228E+00 a       124     0     8     1    12
 -4.8865669448455167E+00 a       125     0     8     1    13
 -1.6039835352913452E+00 a       126     0     8     1    14
  1.7347804522048578E+00 a       127     0     8     1    15
 -2.2727046836918233E-01 a       128     0     8     1    16
  6.9036793136254584E+00 a       129     0     9     1     1
 -1.8227917647384650E+01 a       130     0     9     1     2
  9.5960315959473768E+00 a       131     0     9     1     3
 -1.0421717419888417E+01 a       132     0     9     1     4
 -2.1752741225749417E+00 a       133     0     9     1     5
  2.8384576836884173E-01 a       134     0     9     1     6
  8.9554772247048553E-01 a       135     0     9     1     7
  9.0979589914158741E+00 a       136     0     9     1     8
 -7.1904694420418747E-02 a       137     0     9     1     9
 -7.8413504993350047E+00 a       138     0     9     1    10
  1.0096765179368390E+01 a       139     0     9     1    11
 -2.5225383978187206E+00 a       140     0     9     1    12
  8.0942809115687631E+00 a       141     0     9     1    13
 -1.6459978107774827E+01 a       142     0     9     1    14
  8.7152327746528453E+00 a       143     0     9     1    15
 -1.5599664771248497E+01 a       144     0     9     1    16
  2.0652309224590323E-01 a       145     0    10     1     1
 -7.9008598552518031E-03 a       146     0    10     1     2
  9.0371794707331743E-01 a       147     0    10     1     3
  5.6982523681172905E+00 a       148     0    10     1     4
 -3.6808626064463410E+00 a       149     0    10     1     5
  6.3900555155090544E-01 a       150     0    10     1     6
 -3.2212638796491961E+00 a       151     0    10     1     7
  3.1217383058736790E+00 a       152     0    10     1     8
 -8.7507001294207871E+00 a       153     0    10     1     9
  1.0176752449632052E+00 a       154     0    10     1    10
  1.9707848506528560E+00 a       155     0    10     1    11
 -2.5271378379495344E+00 a       156     0    10     1    12
 -2.0230169165652723E+00 a       157     0    10     1    13
  1.1994600122467665E+00 a       158     0    10     1    14
  1.1898494003740443E+00 a       159     0    10     1    15
 -1.7539532899799211E+00 a       160     0    10     1    16
  2.0620670978548315E+01 a       161     0    11     1     1
  1.3368517788244864E+01 a       162     0    11     1     2
  1.1252333950723775E+01 a       163     0    11     1     3
 -3.1063145818248210E+00 a       164     0    11     1     4
  3.0408864798553008E+00 a       165     0    11     1     5
  1.8814568397311543E+01 a       166     0    11     1     6
 -8.5266752254700062E+00 a       167     0    11     1     7
  1.0232268161904544E+01 a       168     0    11     1     8
 -1.0400753821412506E+01 a       169     0    11     1     9
  1.3764570411361308E+00 a       170     0    11     1    10
  1.4428612442177689E+01 a       171     0    11     1    11
 -6.8833531839863911E+00 a       172     0    11     1    12
  2.3322400636876659E+00 a       173     0    11     1    13
  8.3207391179335009E+00 a       174     0    11     1    14
  1.4216460502805752E+01 a       175     0    11     1    15
  7.7969235373874621E+00 a       176     0    11     1    16
 -4.0745035192640309E+00 a       177     0    12     1     1
 -1.4602915006043936E+01 a       178     0    12     1     2
  1.1525528562329407E+01 a       179     0    12     1     3
  6.4470199700219250E-02 a       180     0    12     1     4
 -1.8793634517572753E+00 a       181     0    12     1     5
 -1.7391015178519311E+00 a       182     0    12     1     6
  5.4619377980524266E+00 a       183     0    12     1     7
 -3.1255576871783980E+01 a       184     0    12     1     8
 -2.4499980055302828E+00 a       185     0    12     1     9
  1.1677579343699534E+01 a       186     0    12     1    10
  8.8200943934191809E+00 a       187     0    12     1    11
  8.1402320290627928E-01 a       188     0    12     1    12
  8.9771530626094664E-01 a       189     0    12     1    13
  2.8777354109174979E+01 a       190     0    12     1    14
  5.7769099037358256E+00 a       191     0    12     1    15
  2.5405497923955377E+01 a       192     0    12     1    16
 -1.0005702762774978E-01 a       193     0    13     1     1
  2.0470345139995731E+00 a       194     0    13     1     2
  7.2310961522778543E+00 a       195     0    13     1     3
 -4.6598127728262186E+00 a       196     0    13     1     4
 -1.3706528035888690E+00 a       197     0    13     1     5
 -5.2293079843137988E+00 a       198     0    13     1     6
  4.2241443691965763E+00 a       199     0    13     1     7
 -7.9281325338829145E-01 a       200     0    13     1     8
 -6.4607204893245518E+00 a       201     0    13     1     9
  7.2663626305837878E+00 a       202     0    13     1    10
  6.6881120259513516E-01 a       203     0    13     1    11
 -4.7725164050277247E+00 a       204     0    13     1    12
  2.0875684646513295E+00 a       205     0    13     1    13
 -1.5023118715380440E-01 a       206     0    13     1    14
  1.1764768670122236E+00 a       207     0    13     1    15
 -4.5064532296780330E-01 a       208     0    13     1    16
  3.1784365084900472E+01 a       209     0    14     1     1
  2.0444339600680390E+01 a       210     0    14     1     2
  3.2618118989143930E+01 a       211     0    14     1     3
 -2.5278836466878925E+01 a       212     0    14     1     4
  1.3803249599369174E+01 a       213     0    14     1     5
  6.6268482073123508E+01 a       214     0    14     1     6
 -1.5906552801121512E+01 a       215     0    14     1     7
  6.5349098783005068E+00 a       216     0    14     1     8
 -1.5157650101727247E+00 a       217     0    14     1     9
  2.9917758909954248E+01 a       218     0    14     1    10
  3.1398520573305649E-01 a       219     0    14     1    11
 -1.4394434983015893E+01 a       220     0    14     1    12
 -1.0024815018711775E+01 a       221     0    14     1    13
  2.6743264403234473E+01 a       222     0    14     1    14
 -9.5357618852418184E+00 a       223     0    14     1    15
 -9.0126508717272262E+00 a       224     0    14     1    16
 -1.0454162771854665E+00 a       225     0    15     1     1
 -4.5902265108233804E+00 a       226     0    15     1     2
  2.4541492748073446E+00 a       227     0    15     1     3
 -2.9132840686767059E-01 a       228     0    15     1     4
  8.1089003968721785E-01 a       229     0    15     1     5
  9.7578234228632543E-01 a       230     0    15     1     6
 -3.8845094991530338E-01 a       231     0    15     1     7
 -2.1950323741751090E+00 a       232     0    15     1     8
 -7.6021843656131216E-01 a       233     0    15     1     9
 -8.6960541418345486E-02 a       234     0    15     1    10
  1.9560861737165566E-01 a       235     0    15     1    11
 -8.6985558657350726E-01 a       236     0    15     1    12
  1.6405573487665837E+00 a       237     0    15     1    13
  3.0553442929716841E+00 a       238     0    15     1    14
  1.3359630302115442E+00 a       239     0    15     1    15
  2.3967311192148624E+00 a       240     0    15     1    16
  3.3801499273595192E-01 a       241     0    16     1     1
  3.6157689524651027E-01 a       242     0    16     1     2
  3.4728695072009853E-02 a       243     0    16     1     3
 -5.8088706134374579E-01 a       244     0    16     1     4
  1.4115421795000449E+00 a       245     0    16     1     5
  1.1912386851420416E+00 a       246     0    16     1     6
  6.0453698434263259E-01 a       247     0    16     1     7
 -7.7710909723183369E-02 a       248     0    16     1     8
 -2.5645672113155569E+00 a       249     0    16     1     9
  2.3875008427386839E+00 a       250     0    16     1    10
  8.5898530830594499E-01 a       251     0    16     1    11
 -3.4097997645210256E+00 a       252     0    16     1    12
 -5.9942064831523501E-01 a       253     0    16     1    13
  2.9946966282143994E-01 a       254     0    16     1    14
  1.5080074585644659E-01 a       255     0    16     1    15
 -1.9519216148187284E+00 a       256     0    16     1    16
  3.1764336649667215E+00 a       257     0    17     1     1
  5.1830092329255306E+00 a       258     0    17     1     2
  2.6519956686747510E+00 a       259     0    17     1     3
 -3.1227421884635231E+00 a       260     0    17     1     4
  2.6489138007925841E+00 a       261     0    17     1     5
  3.4841398052955301E+00 a       262     0    17     1     6
  3.4916366718248543E-01 a       263     0    17     1     7
 -6.6990174721762538E-02 a       264     0    17     1     8
 -1.4908155637582987E+00 a       265     0    17     1     9
  4.7428764512338084E+00 a       266     0    17     1    10
  3.1873080108646956E+00 a       267     0    17     1    11
 -3.5345207328439057E+00 a       268     0    17     1    12
 -1.1709773581644229E+00 a       269     0    17     1    13
  5.4662704224009140E-01 a       270     0    17     1    14
  1.4187586464064252E+00 a       271     0    17     1    15
 -8.6006850463483819E-01 a       272     0    17     1    16
 -1.7701344802713269E+01 a       273     0    18     1     1
  4.3210006378278933E+01 a       274     0    18     1     2
 -1.5062559673656219E+01 a       275     0    18     1     3
  2.6494671618789521E+01 a       276     0    18     1     4
 -2.7086820711664870E+00 a       277     0    18     1     5
  6.7232873450287955E-01 a       278     0    18     1     6
 -2.4567956395036163E+00 a       279     0    18     1     7
 -3.6827558226657146E+01 a       280     0    18     1     8
  4.6189516506603391E-02 a       281     0    18     1     9
  3.0331738116627509E+01 a       282     0    18     1    10
 -1.8881056967858171E+01 a       283     0    18     1    11
  4.3252756347449770E+00 a       284     0    18     1    12
 -3.6600870670192421E+01 a       285     0    18     1    13
  4.9243576974152880E+01 a       286     0    18     1    14
 -1.3984425475604812E+01 a       287     0    18     1    15
  3.7920534209714006E+01 a       288     0    18     1    16
 -8.7662646770500041E-01 a       289     0    19     1     1
 -3.5418256960716756E+00 a       290     0    19     1     2
 -1.0634691623089898E+01 a       291     0    19     1     3
  5.0065743507720040E+00 a       292     0    19     1     4
  5.2893906855980051E+00 a       293     0    19     1     5
  8.8641886988637726E+00 a       294     0    19     1     6
 -5.0383772163367988E+00 a       295     0    19     1     7
 -1.6859153904895825E+00 a       296     0    19     1     8
  2.4416755998541852E+01 a       297     0    19     1     9
 -1.3682441779676266E+01 a       298     0    19     1    10
 -4.4554474391624579E+00 a       299     0    19     1    11
  1.2408732737383293E+01 a       300     0    19     1    12
 -2.8449195287641147E+00 a       301     0    19     1    13
  6.6351464578512007E-04 a       302     0    19     1    14
 -3.5117057053050229E+00 a       303     0    19     1    15
  3.2877126310449460E+00 a       304     0    19     1    16
 -4.0317151258684532E+01 a       305     0    20     1     1
 -2.3068944950766827E+01 a       306     0    20     1     2
 -1.7129495413449973E+01 a       307     0    20     1     3
  8.9915323104143419E-01 a       308     0    20     1     4
 -1.0794506867211258E+01 a       309     0    20     1     5
 -1.6262370390813025E+01 a       310     0    20     1     6
  1.1751721466786588E+01 a       311     0    20     1     7
 -1.9469577629319495E+01 a       312     0    20     1     8
  6.3354248578214287E+00 a       313     0    20     1     9
  3.7028028256610721E+00 a       314     0    20     1    10
 -4.8093957999011131E+01 a       315     0    20     1    11
  1.6003813405969613E+01 a       316     0    20     1    12
 -5.4116889232148955E+00 a       317     0    20     1    13
 -1.8647716261112999E+00 a       318     0    20     1    14
 -5.2815717625149652E+01 a       319     0    20     1    15
 -2.2135823041886223E+01 a       320     0    20     1    16
  8.4810307335689927E+00 a       321     0    21     1     1
 -6.7960483814559147E+00 a       322     0    21     1     2
 -9.0383627097014574E-01 a       323     0    21     1     3
 -1.2640998559878645E+01 a       324     0    21     1     4
  2.9484837929267087E+00 a       325     0    21     1     5
 -3.4680129515330917E+00 a       326     0    21     1     6
  3.1245508857863225E-01 a       327     0    21     1     7
  2.4993496677192336E+01 a       328     0    21     1     8
  4.0570657693077354E+00 a       329     0    21     1     9
 -1.4300674165284416E+01 a       330     0    21     1    10
  3.4493770776674109E+00 a       331     0    21     1    11
 -1.1959532932352863E+00 a       332     0    21     1    12
  1.1372521109656724E+01 a       333     0    21     1    13
 -3.1874318365385300E+01 a       334     0    21     1    14
  2.7974337247070951E+00 a       335     0    21     1    15
 -2.4646378129960777E+01 a       336     0    21     1    16
  6.9262049334828459E+00 a       337     0    22     1     1
 -6.5338519768758829E-01 a       338     0    22     1     2
 -5.2515754440244677E+00 a       339     0    22     1     3
  8.1467988764023396E+00 a       340     0    22     1     4
 -5.0275554471247852E-01 a       341     0    22     1     5
 -1.3678233391129806E+01 a       342     0    22     1     6
 -2.2017749377261988E+00 a       343     0    22     1     7
  6.8502661379504515E+00 a       344     0    22     1     8
 -2.1914505021592867E+00 a       345     0    22     1     9
 -1.3191449325856413E+01 a       346     0    22     1    10
  1.8060014920544429E+01 a       347     0    22     1    11
 -3.0303353533181793E-01 a       348     0    22     1    12
  6.3491502989372730E+00 a       349     0    22     1    13
 -5.8756822954425179E+00 a       350     0    22     1    14
  2.3981839014990243E+01 a       351     0    22     1    15
  1.4030315270447453E+01 a       352     0    22     1    16
  1.3431109562230488E+00 a       353     0    23     1     1
 -6.5081959200376822E+00 a       354     0    23     1     2
  2.2937240398687591E+00 a       355     0    23     1     3
 -2.5171128693240452E+00 a       356     0    23     1     4
 -2.3408715830253912E-01 a       357     0    23     1     5
  9.9592304020073474E-01 a       358     0    23     1     6
 -7.1184776667980521E-01 a       359     0    23     1     7
  3.7194118809880834E+00 a       360     0    23     1     8
 -1.3718073477762747E+00 a       361     0    23     1     9
 -2.1580304754115995E+00 a       362     0    23     1    10
 -2.1953156829105178E-01 a       363     0    23     1    11
 -1.0828900017111749E+00 a       364     0    23     1    12
  4.2348055559777453E+00 a       365     0    23     1    13
 -3.2698768973525887E+00 a       366     0    23     1    14
  1.7998859892318775E+00 a       367     0    23     1    15
 -2.8400795007442743E+00 a       368     0    23     1    16
  1.2728488007276018E+00 a       369     0    24     1     1
 -4.7538074300717448E-01 a       370     0    24     1     2
 -8.2165149279969685E-01 a       371     0    24     1     3
  6.1365790965190525E-01 a       372     0    24     1     4
 -1.2488906136748614E+00 a       373     0    24     1     5
  1.3611718359498508E+00 a       374     0    24     1     6
 -5.4980930880936474E-01 a       375     0    24     1     7
  9.0838851605571624E-01 a       376     0    24     1     8
 -3.6171884013068896E+00 a       377     0    24     1     9
  2.3274482997559902E+00 a       378     0    24     1    10
  4.5068716759833022E-01 a       379     0    24     1    11
 -1.7270604927174991E+00 a       380     0    24     1    12
  3.8339853654846773E-01 a       381     0    24     1    13
  6.1401673283058622E-01 a       382     0    24     1    14
 -8.8996498583116646E-01 a       383     0    24     1    15
 -1.4790392517629769E+00 a       384     0    24     1    16
  3.7795638014867414E+00 a       385     0    25     1     1
  4.1241348868109640E+00 a       386     0    25     1     2
  6.6215163059200988E-01 a       387     0    25     1     3
 -5.7845801377237649E-01 a       388     0    25     1     4
  5.7619336595878146E-01 a       389     0    25     1     5
 -1.0667805639238712E+00 a       390     0    25     1     6
 -2.7259944202434211E-01 a       391     0    25     1     7
  1.7319378627496500E+00 a       392     0    25     1     8
 -3.8097616400245160E+00 a       393     0    25     1     9
  1.5433176427449884E+00 a       394     0    25     1    10
  4.9872472753592296E+00 a       395     0    25     1    11
 -2.5384020414395185E+00 a       396     0    25     1    12
  8.0579014632191770E-01 a       397     0    25     1    13
 -6.4225130221582472E-01 a       398     0    25     1    14
  4.8771382895035025E+00 a       399     0    25     1    15
  1.9441901760761955E+00 a       400     0    25     1    16
  1.2382657826454575E+00 a       401     0    26     1     1
 -1.3099438320616050E-01 a       402     0    26     1     2
 -2.9473209246167453E-01 a       403     0    26     1     3
 -5.9801092870634155E-02 a       404     0    26     1     4
 -1.4000112146711310E+00 a       405     0    26     1     5
  1.2660133270691173E-01 a       406     0    26     1     6
  1.8324113037601584E+00 a       407     0    26     1     7
 -1.3470246561441049E-01 a       408     0    26     1     8
 -7.7885767537327744E-01 a       409     0    26     1     9
 -2.0651924973979900E+00 a       410     0    26     1    10
  3.6387131901560368E+00 a       411     0    26     1    11
  8.6416839098999243E-01 a       412     0    26     1    12
  1.5884752238364566E+00 a       413     0    26     1    13
 -2.0158814640273102E+00 a       414     0    26     1    14
  6.2357652472082115E-01 a       415     0    26     1    15
 -1.0280983861208977E+00 a       416     0    26     1    16
 -1.6253867161669127E+00 a       417     0    27     1     1
  9.0736355750406861E-01 a       418     0    27     1     2
  2.8784876343570653E+00 a       419     0    27     1     3
 -2.0846351454503393E+00 a       420     0    27     1     4
 -2.3486973036857628E+00 a       421     0    27     1     5
 -4.8972330324088773E+00 a       422     0    27     1     6
  1.7084676611368304E+00 a       423     0    27     1     7
  9.4039823023224417E-02 a       424     0    27     1     8
 -3.7421040617078511E+00 a       425     0    27     1     9
 -9.4884032621404224E-01 a       426     0    27     1    10
 -1.5556820629250454E-01 a       427     0    27     1    11
  3.7584845224969343E-01 a       428     0    27     1    12
  1.8355750242902029E+00 a       429     0    27     1    13
 -1.6051336212892824E+00 a       430     0    27     1    14
  2.6280525002210360E+00 a       431     0    27     1    15
  2.0298331043836297E+00 a       432     0    27     1    16
  2.9717690684964433E+00 a       433     0    28     1     1
 -1.1425697243713275E+00 a       434     0    28     1     2
  3.1468782232027941E+00 a       435     0    28     1     3
 -3.5787799771759965E-01 a       436     0    28     1     4
 -2.4628382028904011E-01 a       437     0    28     1     5
  6.9632640935051153E+00 a       438     0    28     1     6
 -2.0722444595646774E+00 a       439     0    28     1     7
  1.9472766025923900E+00 a       440     0    28     1     8
  2.0466508003170532E+00 a       441     0    28     1     9
 -1.8741583064267102E+00 a       442     0    28     1    10
  1.1647031913120746E-01 a       443     0    28     1    11
  4.2014261945144843E-01 a       444     0    28     1    12
  5.0399977331621115E-01 a       445     0    28     1    13
  1.8175478334648163E+00 a       446     0    28     1    14
  2.1833023493683283E+00 a       447     0    28     1    15
  2.6279667897525283E-01 a       448     0    28     1    16
  4.3901638121859952E+00 a       449     0    29     1     1
  6.0586346113034191E+00 a       450     0    29     1     2
 -7.2347884514712550E+00 a       451     0    29     1     3
  8.4999217200538746E-01 a       452     0    29     1     4
  1.7728352625582044E+00 a       453     0    29     1     5
  3.3597794023279373E+00 a       454     0    29     1     6
 -5.9951931652312425E+00 a       455     0    29     1     7
  3.0866849052346915E+01 a       456     0    29     1     8
  1.3821716161897469E-02 a       457     0    29     1     9
 -1.4003380836695943E+01 a       458     0    29     1    10
 -6.9079887913904248E+00 a       459     0    29     1    11
 -3.4974175925503270E-01 a       460     0    29     1    12
  6.9574486641925857E+00 a       461     0    29     1    13
 -2.5788131383116962E+01 a       462     0    29     1    14
 -4.8352248402498565E+00 a       463     0    29     1    15
 -2.1691286360319658E+01 a       464     0    29     1    16
 -2.4996782606141682E+01 a       465     0    30     1     1
 -1.4778396110234288E+01 a       466     0    30     1     2
 -2.3662912309099713E+01 a       467     0    30     1     3
  2.2891463148752326E+01 a       468     0    30     1     4
 -9.3435878093615266E+00 a       469     0    30     1     5
 -5.8621864051833548E+01 a       470     0    30     1     6
  1.4655331788811720E+01 a       471     0    30     1     7
 -5.0149294825248365E+00 a       472     0    30     1     8
  6.9112395629724510E+00 a       473     0    30     1     9
 -2.5170779660944838E+01 a       474     0    30     1    10
  6.1526023628684365E+00 a       475     0    30     1    11
  1.0392170348417119E+01 a       476     0    30     1    12
  8.0895893229005438E+00 a       477     0    30     1    13
 -2.5904399288600693E+01 a       478     0    30     1    14
  1.5198251715594981E+01 a       479     0    30     1    15
  8.1468645926669367E+00 a       480     0    30     1    16
 -2.6874280884451229E-01 a       481     0    31     1     1
  2.7085680995637335E-01 a       482     0    31     1     2
 -1.0169476167597515E+00 a       483     0    31     1     3
 -1.3874580689998139E+00 a       484     0    31     1     4
 -1.6517141602451155E-01 a       485     0    31     1     5
 -8.8181372721535500E-01 a       486     0    31     1     6
  5.2481288551376282E-01 a       487     0    31     1     7
 -3.0772902615707126E-01 a       488     0    31     1     8
 -8.1207645895570502E-01 a       489     0    31     1     9
 -6.9122874034039361E-01 a       490     0    31     1    10
  1.2270515298332083E+00 a       491     0    31     1    11
 -3.0593012805963177E-01 a       492     0    31     1    12
 -2.4687045926867884E-01 a       493     0    31     1    13
 -8.3955097987538685E-01 a       494     0    31     1    14
  3.5513644652110948E-01 a       495     0    31     1    15
 -2.8246719663899345E-01 a       496     0    31     1    16
 -4.6849474596629520E-01 a       497     0    32     1     1
 -4.1235663025594427E-01 a       498     0    32     1     2
 -1.1192507443357478E+00 a       499     0    32     1     3
  7.4518733723041919E-01 a       500     0    32     1     4
  7.8120651578202349E-01 a       501     0    32     1     5
  7.9212066595845843E-01 a       502     0    32     1     6
  3.0807298503630842E-01 a       503     0    32     1     7
  2.6686964487390741E-01 a       504     0    32     1     8
  6.2574998032015783E-01 a       505     0    32     1     9
 -5.6372279731566688E-01 a       506     0    32     1    10
 -7.4739247324911717E-01 a       507     0    32     1    11
 -5.6048264912242829E-01 a       508     0    32     1    12
 -1.0651592359364852E-01 a       509     0    32     1    13
 -2.7028584371594788E-01 a       510     0    32     1    14
  1.1997495598384951E+00 a       511     0    32     1    15
  4.3777072808416206E-01 a       512     0    32     1    16
  9.3919667922883643E-02 a       513     0    33     1     1
 -3.7668553249282011E-01 a       514     0    33     1     2
 -8.4998192550458207E-01 a       515     0    33     1     3
  5.8858264064076637E-01 a       516     0    33     1     4
 -2.7206387676188493E-01 a       517     0    33     1     5
  1.2835921285070910E+00 a       518     0    33     1     6
 -1.8469738147801157E-01 a       519     0    33     1     7
  4.1039659591764049E-01 a       520     0    33     1     8
  4.6631530412273114E-01 a       521     0    33     1     9
 -3.4659958565342619E-01 a       522     0    33     1    10
  1.3970256828346889E-01 a       523     0    33     1    11
  1.1111716988774055E-01 a       524     0    33     1    12
 -7.0665728331934505E-02 a       525     0    33     1    13
  7.4940946043746376E-02 a       526     0    33     1    14
  6.2936690786263727E-01 a       527     0    33     1    15
  8.1618323555093109E-01 a       528     0    33     1    16
 -2.8976047533029065E-01 a       529     0    34     1     1
 -4.9897087511650878E-01 a       530     0    34     1     2
 -7.9645922409170256E-01 a       531     0    34     1     3
  9.5544307404165296E-01 a       532     0    34     1     4
 -5.9329790048041020E-01 a       533     0    34     1     5
 -1.0876834868288258E-01 a       534     0    34     1     6
  2.8145526869999193E-01 a       535     0    34     1     7
  2.5678486568209744E-02 a       536     0    34     1     8
 -9.0933795972009915E-02 a       537     0    34     1     9
 -2.2996670901601315E-01 a       538     0    34     1    10
 -2.7826276755079993E-01 a       539     0    34     1    11
  1.8467243440681971E-02 a       540     0    34     1    12
 -7.9205075640290490E-01 a       541     0    34     1    13
  2.4978809825820725E-01 a       542     0    34     1    14
  1.0275732296024305E+00 a       543     0    34     1    15
  5.5706333311884115E-01 a       544     0    34     1    16
  1.1630911298189926E-01 a       545     0    35     1     1
 -9.3981501824154201E-01 a       546     0    35     1     2
  2.5788989101506077E-01 a       547     0    35     1     3
 -2.7429240754417328E-01 a       548     0    35     1     4
  1.7236066976152634E-01 a       549     0    35     1     5
  4.4084178724994905E-01 a       550     0    35     1     6
 -1.8606320191213016E-01 a       551     0    35     1     7
  3.1006332425789579E-01 a       552     0    35     1     8
 -7.2563005131473135E-01 a       553     0    35     1     9
 -1.6749352442372548E-01 a       554     0    35     1    10
 -4.6890468214375342E-01 a       555     0    35     1    11
 -2.0256468681254752E-01 a       556     0    35     1    12
  4.0358429439266352E-01 a       557     0    35     1    13
 -2.1341362737587619E-01 a       558     0    35     1    14
 -7.0572668720153209E-01 a       559     0    35     1    15
 -2.7852978916474569E-01 a       560     0    35     1    16
  6.3424873512793172E-03 a       561     0    36     1     1
  1.3635847824977887E+00 a       562     0    36     1     2
  5.7072929322016686E-01 a       563     0    36     1     3
 -1.3157889707428736E+00 a       564     0    36     1     4
  5.2518411523444086E-01 a       565     0    36     1     5
 -2.1742415889842524E-02 a       566     0    36     1     6
 -5.8161579772393623E-01 a       567     0    36     1     7
  7.3686398950020771E-02 a       568     0    36     1     8
  2.4620125949256355E-01 a       569     0    36     1     9
  1.5242182122711345E-01 a       570     0    36     1    10
  3.5163093160715847E-01 a       571     0    36     1    11
 -1.1841175021086774E-01 a       572     0    36     1    12
  1.5496010632314328E-01 a       573     0    36     1    13
 -1.4295877959785833E-01 a       574     0    36     1    14
 -7.3973739865886601E-01 a       575     0    36     1    15
 -5.4845195472086228E-01 a       576     0    36     1    16
  1.4596824075003505E+00 a       577     0    37     1     1
 -6.8558304939317098E+00 a       578     0    37     1     2
  1.3463959884107404E+00 a       579     0    37     1     3
  3.4084287794167851E+00 a       580     0    37     1     4
 -1.6983186469030578E+00 a       581     0    37     1     5
 -3.3196238283358124E+00 a       582     0    37     1     6
 -7.8912206151557807E-01 a       583     0    37     1     7
  1.9864227348627401E+00 a       584     0    37     1     8
  2.3691423217616037E+00 a       585     0    37     1     9
  5.4333639357469810E-01 a       586     0    37     1    10
 -1.2598396776975584E+00 a       587     0    37     1    11
  1.2539070495951674E+00 a       588     0    37     1    12
 -1.5042894786470418E+00 a       589     0    37     1    13
 -1.6264118768941365E+00 a       590     0    37     1    14
 -3.5885463442997467E-01 a       591     0    37     1    15
 -5.0358068823275293E+00 a       592     0    37     1    16
 -2.8033912321726562E-01 a       593     0    38     1     1
  1.1812968831181488E-01 a       594     0    38     1     2
 -3.3860755339128273E-01 a       595     0    38     1     3
 -4.8242745448371295E-02 a       596     0    38     1     4
  1.7638285489157057E+00 a       597     0    38     1     5
 -1.5588369218664813E-01 a       598     0    38     1     6
 -1.1544009633596397E+00 a       599     0    38     1     7
 -5.6915044841144874E-02 a       600     0    38     1     8
  1.5432539668841796E+00 a       601     0    38     1     9
 -5.9073300888265778E-01 a       602     0    38     1    10
 -5.8102726010523720E-01 a       603     0    38     1    11
  5.8832295757142561E-01 a       604     0    38     1    12
 -3.2722598973025513E-01 a       605     0    38     1    13
  2.7861231473276971E-01 a       606     0    38     1    14
 -4.1131919980671380E-02 a       607     0    38     1    15
 -1.1647175206404677E-01 a       608     0    38     1    16
  4.3395484055365037E+00 a       609     0    39     1     1
 -2.3670029585974786E+00 a       610     0    39     1     2
  2.3406264458936712E+00 a       611     0    39     1     3
 -1.2474471415647554E+00 a       612     0    39     1     4
 -3.0951435037532766E+00 a       613     0    39     1     5
 -1.6506270984149580E+00 a       614     0    39     1     6
 -2.0668281838925751E+00 a       615     0    39     1     7
  3.8303853338501315E-01 a       616     0    39     1     8
  2.9454445098473307E+00 a       617     0    39     1     9
  2.6699193418597815E+00 a       618     0    39     1    10
  1.4581497152240996E+00 a       619     0    39     1    11
  1.6582958233345795E+00 a       620     0    39     1    12
 -2.8836508244858385E+00 a       621     0    39     1    13
  3.0678717170262209E+00 a       622     0    39     1    14
 -7.2501587229553550E+00 a       623     0    39     1    15
 -2.5322496447397360E+00 a       624     0    39     1    16
 -1.1821923666585192E+00 a       625     0    40     1     1
  2.9435560969999948E+00 a       626     0    40     1     2
 -1.0429177317847900E+00 a       627     0    40     1     3
  5.1772043913113397E-01 a       628     0    40     1     4
  1.9314557847216671E+00 a       629     0    40     1     5
  2.2276238791039487E+00 a       630     0    40     1     6
 -2.9907067017190156E+00 a       631     0    40     1     7
  1.3981448798711495E+00 a       632     0    40     1     8
  1.8011962875973456E-01 a       633     0    40     1     9
 -2.4591877549592183E+00 a       634     0    40     1    10
 -9.4556150773272476E-03 a       635     0    40     1    11
 -6.5425195778515466E-01 a       636     0    40     1    12
 -1.4563625093116161E+00 a       637     0    40     1    13
  1.6464530759079428E+00 a       638     0    40     1    14
 -3.0548698526558904E-01 a       639     0    40     1    15
 -1.4583316896648795E+00 a       640     0    40     1    16
 -4.1402730877384913E-01 a       641     0    41     1     1
 -1.7109227843340083E-02 a       642     0    41     1     2
 -1.4322336779118528E-02 a       643     0    41     1     3
  9.2437659246439674E-01 a       644     0    41     1     4
 -4.4371855976592198E-02 a       645     0    41     1     5
  5.3132547694020660E-01 a       646     0    41     1     6
  8.3127954597724055E-02 a       647     0    41     1     7
  2.6644396540384802E-01 a       648     0    41     1     8
 -4.8837116178255355E-02 a       649     0    41     1     9
 -3.1181942703802956E-01 a       650     0    41     1    10
 -4.1660036501645525E-01 a       651     0    41     1    11
 -3.2435866337517938E-01 a       652     0    41     1    12
 -1.4951613416257512E+00 a       653     0    41     1    13
  4.7977959680934756E-01 a       654     0    41     1    14
  1.5663444123966079E+00 a       655     0    41     1    15
 -2.4557858308003327E-01 a       656     0    41     1    16
 -2.1844214962325545E+00 a       657     0    42     1     1
  1.3984763103668906E+01 a       658     0    42     1     2
 -1.7495601466205446E+00 a       659     0    42     1     3
 -1.4300310579191715E+01 a       660     0    42     1     4
  9.6586607843552326E+00 a       661     0    42     1     5
  5.0185248383874210E+00 a       662     0    42     1     6
  3.8715527090163744E+00 a       663     0    42     1     7
 -4.0655570894150452E+00 a       664     0    42     1     8
  1.1887100076012622E+00 a       665     0    42     1     9
 -5.4339937131731908E+00 a       666     0    42     1    10
  6.3657408249576319E-01 a       667     0    42     1    11
 -1.9101404999108642E+00 a       668     0    42     1    12
  5.4690816245933949E+00 a       669     0    42     1    13
  4.2795453279488804E-01 a       670     0    42     1    14
  3.3372569277220094E+00 a       671     0    42     1    15
  6.7526906743090489E+00 a       672     0    42     1    16
  1.4124729128165003E+00 a       673     0    43     1     1
 -3.3487305796548017E-01 a       674     0    43     1     2
  9.5545178205948558E-02 a       675     0    43     1     3
 -4.1806098574002698E-01 a       676     0    43     1     4
 -1.2166590924609442E+00 a       677     0    43     1     5
 -1.0419076095939308E+00 a       678     0    43     1     6
  1.1438816829985934E+00 a       679     0    43     1     7
 -7.2552704518249012E-01 a       680     0    43     1     8
  5.5468755593436503E-01 a       681     0    43     1     9
  8.0238239653401511E-01 a       682     0    43     1    10
  1.7649796701515865E+00 a       683     0    43     1    11
  8.5065703412474369E-01 a       684     0    43     1    12
  4.4411777648911396E-02 a       685     0    43     1    13
 -3.5526580934053881E-01 a       686     0    43     1    14
 -1.5247878640708459E+00 a       687     0    43     1    15
 -3.0246817036523627E-01 a       688     0    43     1    16
 -7.9880277672540556E+00 a       689     0    44     1     1
  3.9705783499130125E+00 a       690     0    44     1     2
 -1.4300305144161317E+01 a       691     0    44     1     3
 -5.9615141096620796E+00 a       692     0    44     1     4
  5.5191690349207549E+00 a       693     0    44     1     5
 -6.7526404192876806E+00 a       694     0    44     1     6
  4.6777389030475067E+00 a       695     0    44     1     7
 -3.1750483541724299E+00 a       696     0    44     1     8
 -4.4343751103958340E+00 a       697     0    44     1     9
 -7.1723037668068326E+00 a       698     0    44     1    10
  2.6966151392711515E+00 a       699     0    44     1    11
 -4.3977202525925235E-01 a       700     0    44     1    12
  1.9126644411385065E+00 a       701     0    44     1    13
 -1.0800869473190135E+01 a       702     0    44     1    14
  7.9545076356269915E+00 a       703     0    44     1    15
 -3.2177746872291274E-01 a       704     0    44     1    16
  1.9452492203589073E+00 a       705     0    45     1     1
 -3.5029984412942032E+00 a       706     0    45     1     2
  1.8154009638102313E+00 a       707     0    45     1     3
 -1.6310768257573272E+00 a       708     0    45     1     4
 -2.4378549950194119E+00 a       709     0    45     1     5
 -3.2822028121765858E+00 a       710     0    45     1     6
  2.6230649709208151E+00 a       711     0    45     1     7
 -2.8047566768926662E+00 a       712     0    45     1     8
  7.4121676861379515E-01 a       713     0    45     1     9
  3.1639633816483284E+00 a       714     0    45     1    10
  1.4595057479361111E+00 a       715     0    45     1    11
  1.3878983201812576E+00 a       716     0    45     1    12
  1.4482854634738991E+00 a       717     0    45     1    13
 -1.0294625761445320E+00 a       718     0    45     1    14
 -2.0031039595974347E+00 a       719     0    45     1    15
  1.2465252039120969E+00 a       720     0    45     1    16
 -2.1002324010332649E-01 a       721     0    46     1     1
  7.4666424897130901E-01 a       722     0    46     1     2
 -2.0189009580343091E+00 a       723     0    46     1     3
 -2.3270135344142688E+00 a       724     0    46     1     4
 -3.9761654247021561E-01 a       725     0    46     1     5
 -2.9375707832351767E+00 a       726     0    46     1     6
 -1.1232551567599436E+00 a       727     0    46     1     7
 -2.1842926405895438E+00 a       728     0    46     1     8
 -1.6107169639577329E-01 a       729     0    46     1     9
  5.8022448060178655E-01 a       730     0    46     1    10
  1.3750363006375865E+00 a       731     0    46     1    11
  1.6864288942755397E+00 a       732     0    46     1    12
  2.9801992014873306E+00 a       733     0    46     1    13
 -5.2835743910285016E-01 a       734     0    46     1    14
 -5.0525394482341222E+00 a       735     0    46     1    15
 -1.0307632571344083E+00 a       736     0    46     1    16
 -3.2906221301227081E+00 a       737     0    47     1     1
  1.6518697156016071E+00 a       738     0    47     1     2
  4.2552663641883370E-01 a       739     0    47     1     3
 -4.4458507858428336E+00 a       740     0    47     1     4
 -2.2330951949967823E+00 a       741     0    47     1     5
 -8.0294122053052686E+00 a       742     0    47     1     6
 -2.1759222169004544E+00 a       743     0    47     1     7
  9.1842845124013628E-01 a       744     0    47     1     8
 -5.8036521560814620E+00 a       745     0    47     1     9
 -8.7957346645181511E-01 a       746     0    47     1    10
  4.5652936983889960E+00 a       747     0    47     1    11
 -3.0745562269214437E+00 a       748     0    47     1    12
  2.6417830406172400E+00 a       749     0    47     1    13
 -4.9719644535183614E+00 a       750     0    47     1    14
  1.4440019217925737E+00 a       751     0    47     1    15
  9.0349933020295170E-01 a       752     0    47     1    16
  5.6850087648053516E-01 a       753     0    48     1     1
  1.2686574740274996E+00 a       754     0    48     1     2
  1.4951094517926472E-01 a       755     0    48     1     3
  5.4721983903229543E-01 a       756     0    48     1     4
  1.8277465133455877E+00 a       757     0    48     1     5
 -1.0426222430497203E+00 a       758     0    48     1     6
  1.1517563062238416E+00 a       759     0    48     1     7
  1.0629132365056753E+00 a       760     0    48     1     8
 -2.5455241190272142E+00 a       761     0    48     1     9
  1.6792916822342234E+00 a       762     0    48     1    10
 -5.2763422846985781E+00 a       763     0    48     1    11
  3.1940122747192911E-03 a       764     0    48     1    12
 -3.4736254798328341E+00 a       765     0    48     1    13
  1.3557007046559946E+00 a       766     0    48     1    14
 -2.7903974194869554E+00 a       767     0    48     1    15
 -1.2449568391169359E+00 a       768     0    48     1    16
  2.3595969066586919E-01 a       769     0    49     1     1
  2.2898343527289580E+00 a       770     0    49     1     2
  1.4070940276084700E+00 a       771     0    49     1     3
 -1.3792839363251297E+00 a       772     0    49     1     4
 -1.4165755659655199E-01 a       773     0    49     1     5
  4.1332506733106922E-01 a       774     0    49     1     6
  9.8208756248553020E-01 a       775     0    49     1     7
  3.4276856682712364E-01 a       776     0    49     1     8
 -6.2792462471426747E-01 a       777     0    49     1     9
 -5.8602546209833051E-01 a       778     0    49     1    10
  3.0754499282891123E-01 a       779     0    49     1    11
 -2.0905364805551355E-01 a       780     0    49     1    12
  6.9365628865703155E-01 a       781     0    49     1    13
  1.2714913898332711E-01 a       782     0    49     1    14
  8.7978787127231534E-02 a       783     0    49     1    15
  1.1081569899844237E+00 a       784     0    49     1    16
  7.4867317023750374E-03 a       785     0    50     1     1
 -1.3158178408582510E-01 a       786     0    50     1     2
  5.8720768889824759E-01 a       787     0    50     1     3
 -6.1521569727887311E-02 a       788     0    50     1     4
 -8.9523065110190359E-01 a       789     0    50     1     5
  2.8042196321297058E-01 a       790     0    50     1     6
 -2.3903514217893898E-01 a       791     0    50     1     7
  2.2962432938965355E-01 a       792     0    50     1     8
 -4.4783092433362276E-01 a       793     0    50     1     9
 -1.8355882728162615E-01 a       794     0    50     1    10
  4.0532817513885333E-01 a       795     0    50     1    11
 -5.0890166076780638E-02 a       796     0    50     1    12
 -9.4138772807566176E-02 a       797     0    50     1    13
  3.3163228071317202E-01 a       798     0    50     1    14
 -3.3154574030618750E-02 a       799     0    50     1    15
  3.9659671681298014E-01 a       800     0    50     1    16
 -4.8789356174753723E-01 a       801     0    51     1     1
  3.7985250771897172E-01 a       802     0    51     1     2
 -1.0004351282877888E+00 a       803     0    51     1     3
  1.1826445741655385E-01 a       804     0    51     1     4
  7.0895279069607242E-02 a       805     0    51     1     5
 -8.4983524221414614E-02 a       806     0    51     1     6
  6.4782726569847915E-01 a       807     0    51     1     7
  2.2671517113162737E-01 a       808     0    51     1     8
 -1.7459113732333906E-01 a       809     0    51     1     9
 -7.5930164364018254E-02 a       810     0    51     1    10
 -3.8806500467373345E-01 a       811     0    51     1    11
 -2.9317936049534171E-01 a       812     0    51     1    12
  4.7787866083592534E-01 a       813     0    51     1    13
 -8.3195990443293089E-01 a       814     0    51     1    14
  1.2928197500462055E+00 a       815     0    51     1    15
  5.4573966539597685E-01 a       816     0    51     1    16
 -5.9580765943245240E-01 a       817     0    52     1     1
 -1.5949984436910658E+00 a       818     0    52     1     2
  2.1457666871479137E+00 a       819     0    52     1     3
  2.4213179694600559E-01 a       820     0    52     1     4
 -1.5247289503401631E+00 a       821     0    52     1     5
  3.9272191584746929E-01 a       822     0    52     1     6
 -1.0901634035856755E-01 a       823     0    52     1     7
  1.8527940360233128E-01 a       824     0    52     1     8
  3.9387097372662427E-01 a       825     0    52     1     9
 -1.5131494890191075E+00 a       826     0    52     1    10
  1.5391868896523371E+00 a       827     0    52     1    11
  2.6783331109421032E-01 a       828     0    52     1    12
  1.9976095524256632E+00 a       829     0    52     1    13
 -1.3159348849237289E+00 a       830     0    52     1    14
  7.2378751631760074E-01 a       831     0    52     1    15
 -6.9169728408026848E-02 a       832     0    52     1    16
  2.5801041124409845E+00 a       833     0    53     1     1
 -4.5171428914043199E+00 a       834     0    53     1     2
  1.0204149038851378E+00 a       835     0    53     1     3
  6.1784809514410988E+00 a       836     0    53     1     4
 -4.8518434113654862E+00 a       837     0    53     1     5
 -2.6520867953126044E+00 a       838     0    53     1     6
 -9.0843255582493243E-01 a       839     0    53     1     7
  2.3799999954847224E+00 a       840     0    53     1     8
  5.7825738156160311E-01 a       841     0    53     1     9
  4.4924707843076943E+00 a       842     0    53     1    10
  2.9122743327484923E+00 a       843     0    53     1    11
 -3.9768206712184595E-01 a       844     0    53     1    12
 -4.2402205359003151E+00 a       845     0    53     1    13
 -2.5177382657692188E-01 a       846     0    53     1    14
 -5.1850577570179519E+00 a       847     0    53     1    15
 -3.9654008817383839E+00 a       848     0    53     1    16
  1.3935161142516517E+00 a       849     0    54     1     1
 -3.7911785872119199E+00 a       850     0    54     1     2
  4.8297231920774326E+00 a       851     0    54     1     3
  6.1189429375416360E-01 a       852     0    54     1     4
 -2.4038023645181301E+00 a       853     0    54     1     5
  2.2882821828505979E+00 a       854     0    54     1     6
 -3.8812693482063565E-01 a       855     0    54     1     7
 -8.2266609598915519E-01 a       856     0    54     1     8
  1.6310731259139462E+00 a       857     0    54     1     9
  1.0954003155992966E+00 a       858     0    54     1    10
  1.0160283902902736E+00 a       859     0    54     1    11
  9.0939706485501544E-03 a       860     0    54     1    12
 -1.7055411678024035E+00 a       861     0    54     1    13
  3.4405851193062325E+00 a       862     0    54     1    14
 -1.6892866217953877E+00 a       863     0    54     1    15
 -6.9066243558203785E-03 a       864     0    54     1    16
  1.3433162599245593E-01 a       865     0    55     1     1
 -5.7285202181813011E+00 a       866     0    55     1     2
  2.5976137290991014E-01 a       867     0    55     1     3
  8.0227282754599560E-01 a       868     0    55     1     4
 -3.7049295197314374E+00 a       869     0    55     1     5
  3.1434186346118675E+00 a       870     0    55     1     6
  3.1248644607494902E+00 a       871     0    55     1     7
  8.3104393093967992E-03 a       872     0    55     1     8
  4.6183218087063986E+00 a       873     0    55     1     9
  2.5800812004238800E+00 a       874     0    55     1    10
  1.4755572575586426E+00 a       875     0    55     1    11
 -1.5935980427750953E+00 a       876     0    55     1    12
 -3.0224043842828694E+00 a       877     0    55     1    13
 -3.0307041142706237E-01 a       878     0    55     1    14
  5.3096513365872982E+00 a       879     0    55     1    15
  6.3241007131442633E+00 a       880     0    55     1    16
  4.6509420248703681E-01 a       881     0    56     1     1
 -3.0334443199403625E+00 a       882     0    56     1     2
 -6.0166358066774537E+00 a       883     0    56     1     3
  1.6059291497695252E+00 a       884     0    56     1     4
  7.8181975529257552E-01 a       885     0    56     1     5
  4.4372454958223537E+00 a       886     0    56     1     6
  9.9555702818482106E-01 a       887     0    56     1     7
 -2.6351630512893132E+00 a       888     0    56     1     8
  6.7255932936310030E+00 a       889     0    56     1     9
  1.0972695676086317E+00 a       890     0    56     1    10
  6.7524429673856701E-01 a       891     0    56     1    11
  1.0800711287661180E+00 a       892     0    56     1    12
 -3.7588796413273151E+00 a       893     0    56     1    13
  3.0026992695736285E+00 a       894     0    56     1    14
  3.1762205778126473E+00 a       895     0    56     1    15
  2.0941203638791115E+00 a       896     0    56     1    16
 -3.3496250376058589E-01 a       897     0    57     1     1
  1.7465133325979607E+00 a       898     0    57     1     2
 -1.9557540546335661E+00 a       899     0    57     1     3
  1.4162466214000282E+00 a       900     0    57     1     4
  7.8789310432912973E-01 a       901     0    57     1     5
  2.3607341302020468E-02 a       902     0    57     1     6
 -9.3189148297240176E-01 a       903     0    57     1     7
 -6.4022016926873160E-01 a       904     0    57     1     8
 -3.4996184873833658E-01 a       905     0    57     1     9
  1.0834363166265824E+00 a       906     0    57     1    10
  1.4745766953154411E+00 a       907     0    57     1    11
  3.2668522283430973E-01 a       908     0    57     1    12
 -1.4585801668051708E+00 a       909     0    57     1    13
  1.0916649415668436E+00 a       910     0    57     1    14
 -3.0909691743865899E+00 a       911     0    57     1    15
  1.2604056782446664E+00 a       912     0    57     1    16
 -3.2417897603944921E+00 a       913     0    58     1     1
  3.4060396231830442E-01 a       914     0    58     1     2
  1.3423065373589045E+00 a       915     0    58     1     3
  1.2847517915408910E+00 a       916     0    58     1     4
  2.2173516001450784E+00 a       917     0    58     1     5
  1.0209687491557202E+00 a       918     0    58     1     6
 -2.2828518891099134E-01 a       919     0    58     1     7
 -1.0117414992409250E+00 a       920     0    58     1     8
 -1.8781630016903061E+00 a       921     0    58     1     9
 -2.1079215282230943E+00 a       922     0    58     1    10
 -1.4963390668102625E+00 a       923     0    58     1    11
 -1.6154579111551029E-01 a       924     0    58     1    12
  6.9798284976575264E-01 a       925     0    58     1    13
  7.6111802487392743E-02 a       926     0    58     1    14
  4.2464242431086978E+00 a       927     0    58     1    15
  1.7337877506271200E+00 a       928     0    58     1    16
  8.0156294152513141E-01 a       929     0    59     1     1
  1.9319052136313433E+00 a       930     0    59     1     2
 -5.9265451652633940E+00 a       931     0    59     1     3
 -1.1682857907117830E+00 a       932     0    59     1     4
  1.1971079562210375E-01 a       933     0    59     1     5
 -2.1903916534430637E-01 a       934     0    59     1     6
 -1.0324447861941430E+00 a       935     0    59     1     7
 -2.4404521466320013E+00 a       936     0    59     1     8
  6.1074528963738217E+00 a       937     0    59     1     9
  1.3539933429240132E+00 a       938     0    59     1    10
  4.5468845758327738E+00 a       939     0    59     1    11
  6.7967302459644863E-01 a       940     0    59     1    12
 -9.4270499869568758E-01 a       941     0    59     1    13
  8.4463577649306532E-01 a       942     0    59     1    14
  2.4894859264505218E+00 a       943     0    59     1    15
  1.5320359868942872E+00 a       944     0    59     1    16
 -9.9085819488547000E-01 a       945     0    60     1     1
 -5.3665263123187739E+00 a       946     0    60     1     2
  5.2851065934594155E-01 a       947     0    60     1     3
  2.9187011085552377E+00 a       948     0    60     1     4
 -2.6674156371312270E+00 a       949     0    60     1     5
 -2.1678697371164699E-01 a       950     0    60     1     6
 -1.3935244417006061E+00 a       951     0    60     1     7
  4.3489069718512696E-01 a       952     0    60     1     8
 -2.4928738257384753E+00 a       953     0    60     1     9
 -8.2600242346269781E-01 a       954     0    60     1    10
 -4.4982939873045789E+00 a       955     0    60     1    11
  1.1535069534331388E+00 a       956     0    60     1    12
  1.4564069387683067E+00 a       957     0    60     1    13
 -2.9513248869122560E-01 a       958     0    60     1    14
  4.4402758227543266E+00 a       959     0    60     1    15
 -3.3529698961348864E-01 a       960     0    60     1    16
 -1.1023162413091037E+00 a       961     0    61     1     1
  5.2170024588786057E-01 a       962     0    61     1     2
 -6.2266888713463586E-01 a       963     0    61     1     3
  2.2493743947938051E-02 a       964     0    61     1     4
  6.8487695809886273E-01 a       965     0    61     1     5
  9.6010353751056710E-01 a       966     0    61     1     6
 -7.4860119711849554E-02 a       967     0    61     1     7
  5.6939543516286173E-01 a       968     0    61     1     8
 -7.6134252759801502E-01 a       969     0    61     1     9
 -5.0696580657679724E-01 a       970     0    61     1    10
 -1.4557114430512623E+00 a       971     0    61     1    11
 -1.1859629996414716E+00 a       972     0    61     1    12
  9.2893476142339750E-04 a       973     0    61     1    13
 -1.7641170561294919E-01 a       974     0    61     1    14
  1.4021757396120942E+00 a       975     0    61     1    15
  2.0248581212223654E-01 a       976     0    61     1    16
  5.8791736093134341E+00 a       977     0    62     1     1
  1.0527248985781521E+00 a       978     0    62     1     2
  6.2981031558871505E+00 a       979     0    62     1     3
  5.8248380068908459E+00 a       980     0    62     1     4
 -1.6997067359991760E+00 a       981     0    62     1     5
  4.6660063320170337E+00 a       982     0    62     1     6
 -2.0550959157451802E+00 a       983     0    62     1     7
  4.2670762420790291E+00 a       984     0    62     1     8
  2.1971090973553453E+00 a       985     0    62     1     9
  5.7744599760043611E+00 a       986     0    62     1    10
 -4.2748171719667134E+00 a       987     0    62     1    11
 -4.2745059125624707E-01 a       988     0    62     1    12
  1.6875240773358835E+00 a       989     0    62     1    13
  4.8204443346026702E+00 a       990     0    62     1    14
 -4.5454534469798009E+00 a       991     0    62     1    15
  8.3488413921493154E-01 a       992     0    62     1    16
  1.5619477644312438E+00 a       993     0    63     1     1
 -1.3958680794169240E+00 a       994     0    63     1     2
  8.2289410085990085E+00 a       995     0    63     1     3
  2.8120731119192262E+00 a       996     0    63     1     4
  1.4137064081424220E+00 a       997     0    63     1     5
  2.9972352411193302E+00 a       998     0    63     1     6
  1.6601986479055926E+00 a       999     0    63     1     7
  2.3345087617012301E+00 a      1000     0    63     1     8
 -4.2814238017404822E+00 a      1001     0    63     1     9
 -2.0133832858496685E+00 a      1002     0    63     1    10
 -6.0107832225988647E+00 a      1003     0    63     1    11
  1.4574698348778161E+00 a      1004     0    63     1    12
  3.2963587942142891E+00 a      1005     0    63     1    13
  5.1697795424601767E-01 a      1006     0    63     1    14
 -5.0607202193852485E+00 a      1007     0    63     1    15
 -2.9466443675373979E+00 a      1008     0    63     1    16
  1.3813638550801940E-01 a      1009     0    64     1     1
  3.9785273979442772E+00 a      1010     0    64     1     2
  1.5343560306813264E+00 a      1011     0    64     1     3
  8.2826018618422614E-01 a      1012     0    64     1     4
  4.2743949827924599E+00 a      1013     0    64     1     5
 -1.5587113545668287E+00 a      1014     0    64     1     6
 -1.4592233425841674E+00 a      1015     0    64     1     7
  8.9538676837707787E-01 a      1016     0    64     1     8
 -3.6987745137041590E+00 a      1017     0    64     1     9
 -2.9262070343017328E+00 a      1018     0    64     1    10
 -1.7689184749288234E+00 a      1019     0    64     1    11
  3.0284506402099404E-01 a      1020     0    64     1    12
  1.0756436001653391E+00 a      1021     0    64     1    13
  2.3499229260521431E-01 a      1022     0    64     1    14
 -1.8433435689365660E+00 a      1023     0    64     1    15
 -5.2548872507480962E+00 a      1024     0    64     1    16
 -1.6447679474696812E-03 b      1025     1     1
 -1.9866878172457184E-01 b      1026     1     2
  2.7290503303541734E-02 b      1027     1     3
  2.7391517782009600E-01 b      1028     1     4
 -4.9673205179308171E-02 b      1029     1     5
 -7.3020472278775367E-02 b      1030     1     6
 -9.3087254969670095E-03 b      1031     1     7
 -7.2781396488378669E-02 b      1032     1     8
 -4.5684501006067864E-02 b      1033     1     9
 -9.6237936126098655E-02 b      1034     1    10
  2.1638313337767924E-02 b      1035     1    11
  1.2454712294646382E-01 b      1036     1    12
  1.2114787399399812E-01 b      1037     1    13
  2.4600442200089299E-02 b      1038     1    14
  1.2977090113441771E-03 b      1039     1    15
 -1.0158750734385083E-01 b      1040     1    16
  1.4683640509406096E-01 a      1041     1     1     2     1
 -8.3289784814380499E-02 a      1042     1     1     2     2
  6.8828545806819341E-01 a      1043     1     1     2     3
 -6.2304796277781838E-01 a      1044     1     1     2     4
 -3.1947538817543192E-01 a      1045     1     1     2     5
 -3.8644447909405988E-01 a      1046     1     1     2     6
  1.1607018726438543E+00 a      1047     1     1     2     7
 -9.5818518385848872E-02 a      1048     1     1     2     8
  3.4683164280417914E-02 a      1049     1     1     2     9
  8.8546651063170478E-01 a      1050     1     1     2    10
  2.8554165947311294E-01 a      1051     1     1     2    11
 -1.1163384569639574E+00 a      1052     1     1     2    12
 -1.3603815800016374E+00 a      1053     1     1     2    13
 -4.6716823405040653E-01 a      1054     1     1     2    14
  1.5315611928448152E+00 a      1055     1     1     2    15
  5.3885339671007682E-01 a      1056     1     1     2    16
 -4.0395484327827208E-01 a      1057     1     2     2     1
 -1.5115528583150714E-01 a      1058     1     2     2     2
  4.8165301943943439E-01 a      1059     1     2     2     3
  7.9917997460188642E-02 a      1060     1     2     2     4
  5.0990832516589951E-02 a      1061     1     2     2     5
 -2.3226654500763252E-01 a      1062     1     2     2     6
  8.3340966594801807E-02 a      1063     1     2     2     7
  1.1145481785425615E-01 a      1064     1     2     2     8
  6.7219620362005028E-01 a      1065     1     2     2     9
 -2.3166925321127178E-02 a      1066     1     2     2    10
  3.3769566231654569E-01 a      1067     1     2     2    11
 -1.8728231262532236E-01 a      1068     1     2     2    12
 -5.7555633959625441E-01 a      1069     1     2     2    13
 -5.5079640812552615E-02 a      1070     1     2     2    14
  4.6748974957707706E-01 a      1071     1     2     2    15
 -6.2499948758355972E-01 a      1072     1     2     2    16
 -1.2686806958527230E-01 a      1073     1     3     2     1
  2.1428372896840073E-01 a      1074     1     3     2     2
  2.1674094910123756E-01 a      1075     1     3     2     3
 -2.3934538894315197E-01 a      1076     1     3     2     4
 -4.1826230641354066E-02 a      1077     1     3     2     5
 -3.0023696050331825E-02 a      1078     1     3     2     6
 -9.8098189705285901E-02 a      1079     1     3     2     7
 -1.7034323416554170E-01 a      1080     1     3     2     8
  2.2456834749210122E-01 a      1081     1     3     2     9
 -4.0398732982838491E-02 a      1082     1     3     2    10
  1.0188390953028773E-01 a      1083     1     3     2    11
 -5.4233986779004950E-01 a      1084     1     3     2    12
 -1.8136105057050364E-01 a      1085     1     3     2    13
 -3.2754761230634161E-01 a      1086     1     3     2    14
  1.6876124314135169E-01 a      1087     1     3     2    15
  1.4030269351479302E-01 a      1088     1     3     2    16
 -6.6018779782895332E-02 a      1089     1     4     2     1
  4.2662709403358762E-01 a      1090     1     4     2     2
  3.5255541040044275E-01 a      1091     1     4     2     3
 -1.6546746132013027E-02 a      1092     1     4     2     4
  5.5656382472698851E-01 a      1093     1     4     2     5
 -2.7011182496514713E-01 a      1094     1     4     2     6
  2.7059117946490874E-01 a      1095     1     4     2     7
 -1.6102160289267149E-02 a      1096     1     4     2     8
  1.0642157138831709E+00 a      1097     1     4     2     9
 -2.1524922604788488E-01 a      1098     1     4     2    10
  2.4761948167556408E-01 a      1099     1     4     2    11
 -2.8476966596603176E-01 a      1100     1     4     2    12
 -4.8221235652886868E-01 a      1101     1     4     2    13
 -3.6860234002523834E-01 a      1102     1     4     2    14
  3.9171262762292447E-01 a      1103     1     4     2    15
 -3.4434174715068971E-01 a      1104     1     4     2    16
  1.0554147134618526E-01 a      1105     1     5     2     1
  1.6573672247390511E-01 a      1106     1     5     2     2
 -8.0938177766605124E-01 a      1107     1     5     2     3
 -5.3440936134914985E-01 a      1108     1     5     2     4
  1.8561028963682596E-02 a      1109     1     5     2     5
  3.1134794509646635E-01 a      1110     1     5     2     6
 -7.8799177054248903E-01 a      1111     1     5     2     7
 -4.4749327932523175E-02 a      1112     1     5     2     8
  7.4554188914931818E-02 a      1113     1     5     2     9
  3.5613860028515504E-01 a      1114     1     5     2    10
 -3.5018085731536480E-01 a      1115     1     5     2    11
 -4.5872875187604023E-01 a      1116     1     5     2    12
 -1.0390911522782766E+00 a      1117     1     5     2    13
 -4.6314141791563068E-01 a      1118     1     5     2    14
 -4.7104677837469811E-01 a      1119     1     5     2    15
  1.9525038546744750E-01 a      1120     1     5     2    16
 -2.8697764759241490E-01 a      1121     1     6     2     1
 -6.5107842190347354E-01 a      1122     1     6     2     2
  2.9903654308142558E-01 a      1123     1     6     2     3
 -1.2286108729949406E-01 a      1124     1     6     2     4
 -1.2079007936422656E-01 a      1125     1     6     2     5
 -2.7285050629250213E-01 a      1126     1     6     2     6
 -4.7882024263950290E-01 a      1127     1     6     2     7
  2.9770376812916227E-01 a      1128     1     6     2     8
 -1.6770252014147713E-01 a      1129     1     6     2     9
  2.4652433878089941E-01 a      1130     1     6     2    10
  2.2145848277054014E-01 a      1131     1     6     2    11
  2.2285916638709671E-02 a      1132     1     6     2    12
  5.0850352712402591E-01 a      1133     1     6     2    13
 -2.2672193617778141E-01 a      1134     1     6     2    14
 -1.4585100817180316E-01 a      1135     1     6     2    15
 -2.1537339000377212E-01 a      1136     1     6     2    16
  1.3595872979216786E-02 a      1137     1     7     2     1
 -3.7908918610258094E-02 a      1138     1     7     2     2
 -6.1596126707677124E-01 a      1139     1     7     2     3
  1.2652692278441724E-01 a      1140     1     7     2     4
  1.6952320623053155E-01 a      1141     1     7     2     5
  7.6398272317810767E-01 a      1142     1     7     2     6
 -1.8433195501769917E-01 a      1143     1     7     2     7
  5.8225541226430907E-02 a      1144     1     7     2     8
 -1.5043954520370821E+00 a      1145     1     7     2     9
  1.9867797437676310E-01 a      1146     1     7     2    10
 -7.9812545377414523E-01 a      1147     1     7     2    11
  4.2647914638651080E-01 a      1148     1     7     2    12
  3.2831993918072899E-01 a      1149     1     7     2    13
 -1.3137898806005238E-01 a      1150     1     7     2    14
 -7.0122479936787385E-01 a      1151     1     7     2    15
  2.5284593008981693E-01 a      1152     1     7     2    16
  5.0838794532296649E-01 a      1153     1     8     2     1
  6.6843960016832105E-01 a      1154     1     8     2     2
 -1.2951726190640329E+00 a      1155     1     8     2     3
 -1.8973789165082863E-01 a      1156     1     8     2     4
 -2.2733625092561352E-01 a      1157     1     8     2     5
  8.8885937939180160E-01 a      1158     1     8     2     6
 -1.2501609365020814E+00 a      1159     1     8     2     7
 -2.1260515436554656E-01 a      1160     1     8     2     8
 -4.8876618907081099E-01 a      1161     1     8     2     9
 -3.4448265166781900E-01 a      1162     1     8     2    10
 -8.5923136374303999E-01 a      1163     1     8     2    11
  7.0722073023141885E-01 a      1164     1     8     2    12
  2.7556527445154959E+00 a      1165     1     8     2    13
  3.5166929928245155E-01 a      1166     1     8     2    14
 -7.5744534690841758E-01 a      1167     1     8     2    15
 -2.1476543192709710E-01 a      1168     1     8     2    16
  2.9000889155791881E-01 a      1169     1     9     2     1
  2.2262277539282255E-01 a      1170     1     9     2     2
 -1.4492522218820750E-01 a      1171     1     9     2     3
  1.1615882524236495E-01 a      1172     1     9     2     4
  9.2855618371017121E-02 a      1173     1     9     2     5
 -1.0129385556903715E-01 a      1174     1     9     2     6
  2.4539652963406858E-01 a      1175     1     9     2     7
 -1.1414543142716889E-01 a      1176     1     9     2     8
  2.7075566228502213E-01 a      1177     1     9     2     9
 -5.3696874723375909E-01 a      1178     1     9     2    10
  1.1315542415100769E-02 a      1179     1     9     2    11
 -1.0973022042918303E-01 a      1180     1     9     2    12
  5.8827400265782137E-01 a      1181     1     9     2    13
  2.8406936842851011E-01 a      1182     1     9     2    14
  1.9072201749347534E-01 a      1183     1     9     2    15
  2.3977569369274446E-01 a      1184     1     9     2    16
 -1.0055334615998905E-01 a      1185     1    10     2     1
 -1.1071369187071822E-01 a      1186     1    10     2     2
 -1.9824263243578391E-01 a      1187     1    10     2     3
 -8.1719750082679871E-02 a      1188     1    10     2     4
 -2.8121569543348775E-02 a      1189     1    10     2     5
 -2.4270674675570189E-01 a      1190     1    10     2     6
 -1.1127611632319161E+00 a      1191     1    10     2     7
 -1.8392289099083942E-01 a      1192     1    10     2     8
  2.4616238938352009E-01 a      1193     1    10     2     9
  8.4958217164515862E-02 a      1194     1    10     2    10
  5.4247305846205141E-01 a      1195     1    10     2    11
  5.8113578824191525E-01 a      1196     1    10     2    12
  7.0150323604187304E-01 a      1197     1    10     2    13
  1.2561354643142447E-01 a      1198     1    10     2    14
 -8.1025889049333311E-01 a      1199     1    10     2    15
 -4.4322841002067259E-01 a      1200     1    10     2    16
  1.0741492977058345E-01 a      1201     1    11     2     1
 -1.6100531425464151E-01 a      1202     1    11     2     2
 -2.9028590784682856E-01 a      1203     1    11     2     3
 -6.7035522109955115E-02 a      1204     1    11     2     4
  8.0892455808537281E-03 a      1205     1    11     2     5
  9.1878686129354148E-01 a      1206     1    11     2     6
 -4.4950662326922469E-01 a      1207     1    11     2     7
  3.0959591423485072E-01 a      1208     1    11     2     8
 -7.6747038894361208E-01 a      1209     1    11     2     9
  4.2689843892899970E-01 a      1210     1    11     2    10
 -3.5156608375939352E-01 a      1211     1    11     2    11
  1.5343446998938146E-01 a      1212     1    11     2    12
  5.7127529496205115E-02 a      1213     1    11     2    13
 -2.6283363388778058E-01 a      1214     1    11     2    14
 -1.7579396644162409E-01 a      1215     1    11     2    15
  1.4872442190136701E+00 a      1216     1    11     2    16
 -2.4565236856670411E-01 a      1217     1    12     2     1
  1.6551734503237256E-01 a      1218     1    12     2     2
 -1.8912874136119043E-01 a      1219     1    12     2     3
 -1.2376975541426946E-01 a      1220     1    12     2     4
 -1.7262920942900953E-01 a      1221     1    12     2     5
  3.0819887372807697E-01 a      1222     1    12     2     6
 -1.3794165345785891E+00 a      1223     1    12     2     7
 -7.3642078283531365E-02 a      1224     1    12     2     8
 -9.3304750762561162E-01 a      1225     1    12     2     9
  3.0871261897814811E-01 a      1226     1    12     2    10
 -1.6758031411443078E-01 a      1227     1    12     2    11
  2.5649905399120837E-01 a      1228     1    12     2    12
  9.4503524193818289E-01 a      1229     1    12     2    13
 -2.8283362849232180E-01 a      1230     1    12     2    14
 -1.2892712773481489E+00 a      1231     1    12     2    15
  2.3029857750231156E-01 a      1232     1    12     2    16
  2.7315585520123720E-01 a      1233     1    13     2     1
 -6.9337679089059756E-01 a      1234     1    13     2     2
  1.6423878850953622E-01 a      1235     1    13     2     3
 -2.7656361068138097E-01 a      1236     1    13     2     4
  1.7057564051638249E-01 a      1237     1    13     2     5
 -5.7073518846873128E-01 a      1238     1    13     2     6
  3.8693848388277602E-01 a      1239     1    13     2     7
 -1.8299678449818421E-01 a      1240     1    13     2     8
  4.8812565366495514E-01 a      1241     1    13     2     9
 -1.4183150975145345E-02 a      1242     1    13     2    10
  3.6997369287718279E-01 a      1243     1    13     2    11
 -2.8147782390185244E-01 a      1244     1    13     2    12
 -3.6959627694798985E-01 a      1245     1    13     2    13
  1.6831328135136384E-01 a      1246     1    13     2    14
  3.9946313488415292E-01 a      1247     1    13     2    15
  3.5495803948474230E-01 a      1248     1    13     2    16
  3.1820979647164327E-01 a      1249     1    14     2     1
 -3.4782676204733098E-01 a      1250     1    14     2     2
 -1.1633718833800304E+00 a      1251     1    14     2     3
  3.7384037485969440E-01 a      1252     1    14     2     4
  1.9189911684556593E-01 a      1253     1    14     2     5
  1.0974472986410702E+00 a      1254     1    14     2     6
  5.4560672351556072E-01 a      1255     1    14     2     7
 -1.7331024037497686E-01 a      1256     1    14     2     8
 -1.7879942886480233E+00 a      1257     1    14     2     9
  4.5818767543540112E-02 a      1258     1    14     2    10
 -7.6110795287390764E-01 a      1259     1    14     2    11
  2.0887562228294657E-01 a      1260     1    14     2    12
  4.7740588409241259E-02 a      1261     1    14     2    13
  5.0536817058744710E-01 a      1262     1    14     2    14
 -1.4485109999701193E+00 a      1263     1    14     2    15
  5.0894590776313897E-01 a      1264     1    14     2    16
  5.5703840626307351E-02 a      1265     1    15     2     1
  1.4853380219322040E-01 a      1266     1    15     2     2
 -2.0655665948528640E-01 a      1267     1    15     2     3
  4.4092479909535673E-02 a      1268     1    15     2     4
 -2.0862957409275226E-01 a      1269     1    15     2     5
  2.3410247324619393E-01 a      1270     1    15     2     6
  2.0984996363356375E-02 a      1271     1    15     2     7
 -6.9450302916275330E-01 a      1272     1    15     2     8
 -3.7350837119245173E-01 a      1273     1    15     2     9
  2.4630122124325099E-01 a      1274     1    15     2    10
  6.5594475913579087E-02 a      1275     1    15     2    11
 -1.5585324187506635E-02 a      1276     1    15     2    12
 -9.2936050208064697E-02 a      1277     1    15     2    13
 -2.0305527262623752E-01 a      1278     1    15     2    14
 -7.6168081773102775E-02 a      1279     1    15     2    15
 -7.5399975594636987E-02 a      1280     1    15     2    16
  5.3748711142687411E-01 a      1281     1    16     2     1
 -3.5650125927212527E-02 a      1282     1    16     2     2
  1.8028743202495959E-01 a      1283     1    16     2     3
  3.1961549918815207E-01 a      1284     1    16     2     4
 -1.2000577719368968E-01 a      1285     1    16     2     5
 -8.0450972654471054E-01 a      1286     1    16     2     6
 -1.6710857310331753E-01 a      1287     1    16     2     7
  7.4315303550752310E-01 a      1288     1    16     2     8
  8.0639858130760844E-01 a      1289     1    16     2     9
 -3.4238491881046655E-02 a      1290     1    16     2    10
 -2.5825045984229161E-02 a      1291     1    16     2    11
 -2.2857303259688150E-01 a      1292     1    16     2    12
 -8.7675158407530129E-01 a      1293     1    16     2    13
 -3.6930187063444947E-01 a      1294     1    16     2    14
  1.2988634380375497E+00 a      1295     1    16     2    15
 -5.0873756647213597E-01 a      1296     1    16     2    16
 -1.3450622243861560E-02 b      1297     2     1
 -5.2135080681532234E-02 b      1298     2     2
 -6.6027620394262063E-02 b      1299     2     3
  4.3772906953473738E-02 b      1300     2     4
  4.0237719614423212E-02 b      1301     2     5
 -4.6184181370968767E-02 b      1302     2     6
 -1.4136440684660218E-01 b      1303     2     7
  1.1314208291239763E-01 b      1304     2     8
  1.8666289323737209E-01 b      1305     2     9
 -9.3862012157173672E-02 b      1306     2    10
 -1.2243866242763761E-01 b      1307     2    11
  1.7269760691679056E-02 b      1308     2    12
  4.8184587926766281E-01 b      1309     2    13
  1.0994353646640004E-01 b      1310     2    14
 -3.2418766386760461E-01 b      1311     2    15
 -1.4845945579778483E-01 b      1312     2    16
 -6.2247649847622866E-01 a      1313     2     1     3     1
  4.0328015860750860E-01 a      1314     2     2     3     1
 -5.5566803232552076E-01 a      1315     2     3     3     1
 -5.1108406869157996E-01 a      1316     2     4     3     1
 -7.3786466634356440E-01 a      1317     2     5     3     1
 -4.9331078674100942E-01 a      1318     2     6     3     1
  6.7721288598780327E-01 a      1319     2     7     3     1
  7.4806475636628611E-01 a      1320     2     8     3     1
 -1.5523949026564787E-01 a      1321     2     9     3     1
 -5.3101256490095827E-01 a      1322     2    10     3     1
  5.8014932417608833E-01 a      1323     2    11     3     1
  5.0960725200636015E-01 a      1324     2    12     3     1
 -3.0517596808173505E-02 a      1325     2    13     3     1
 -8.4337757709697569E-01 a      1326     2    14     3     1
 -4.4474419572876567E-02 a      1327     2    15     3     1
  9.4263888788315625E-02 a      1328     2    16     3     1
  3.5368406368577708E-02 b      1329     3     1
