################################################################################
# Neural network connection values (weights and biases).
################################################################################
# Col  Name       Description
################################################################################
# 1    connection Neural network connection value.
# 2    t          Connection type (a = weight, b = bias).
# 3    index      Index enumerating weights.
# 4    l_s        Starting point layer (end point layer for biases).
# 5    n_s        Starting point neuron in starting layer (end point neuron for biases).
# 6    l_e        End point layer.
# 7    n_e        End point neuron in end layer.
################################################################################
#                      1 2         3     4     5     6     7
#             connection t     index   l_s   n_s   l_e   n_e
############################################################
  2.6249251866081256E+01 a         1     0     1     1     1
 -5.2894728764307777E+00 a         2     0     1     1     2
  5.5400208546095282E+00 a         3     0     1     1     3
  8.6102758774819410E-01 a         4     0     1     1     4
  1.0295531971825230E+01 a         5     0     1     1     5
  1.0057806084988878E+01 a         6     0     1     1     6
  1.1311796858796872E+00 a         7     0     1     1     7
 -4.0470561220744523E+00 a         8     0     1     1     8
  9.1118010807624525E+00 a         9     0     1     1     9
 -1.7883267263750515E+01 a        10     0     1     1    10
 -6.4939019500786390E+00 a        11     0     1     1    11
  6.1949438876436043E+00 a        12     0     1     1    12
 -8.4201178661776215E+00 a        13     0     1     1    13
 -5.1953431835331765E+00 a        14     0     1     1    14
 -1.1374699849796675E-01 a        15     0     1     1    15
 -4.8574070928505142E-01 a        16     0     1     1    16
 -1.0238110302848849E+01 a        17     0     1     1    17
 -6.6795873030658308E+00 a        18     0     1     1    18
  1.5731481346205122E+01 a        19     0     1     1    19
  3.9040835393187892E+00 a        20     0     1     1    20
  1.1685535625055453E-01 a        21     0     1     1    21
  7.0351746202398289E+00 a        22     0     1     1    22
 -9.6785578708929858E+00 a        23     0     1     1    23
 -1.1213815454277298E+00 a        24     0     1     1    24
  5.1251586973009917E-02 a        25     0     2     1     1
  3.3963085406245243E-02 a        26     0     2     1     2
 -2.0083656925922839E+00 a        27     0     2     1     3
  5.0012033583372262E-01 a        28     0     2     1     4
  7.0930833375404756E-01 a        29     0     2     1     5
 -5.9814857484699413E-01 a        30     0     2     1     6
  3.0072386701784830E+00 a        31     0     2     1     7
 -2.0347454512753953E+00 a        32     0     2     1     8
 -1.2282661906187529E+00 a        33     0     2     1     9
  7.6737595749519216E-01 a        34     0     2     1    10
 -2.6042241702966917E-01 a        35     0     2     1    11
 -3.7065377589481524E-01 a        36     0     2     1    12
 -8.4800056971160873E-02 a        37     0     2     1    13
 -1.0134820766089132E-01 a        38     0     2     1    14
 -9.9853147520464769E-01 a        39     0     2     1    15
 -1.0940039985854908E+00 a        40     0     2     1    16
 -1.0946443270369250E+00 a        41     0     2     1    17
  8.7426842563933094E-01 a        42     0     2     1    18
 -9.7952185142747827E-01 a        43     0     2     1    19
 -8.1677754124614244E-01 a        44     0     2     1    20
  1.0133681076338019E+00 a        45     0     2     1    21
  9.2053709157949348E-01 a        46     0     2     1    22
  3.3655639761168726E-01 a        47     0     2     1    23
 -2.0830596190015349E+00 a        48     0     2     1    24
 -1.7863550987353187E+00 a        49     0     3     1     1
  3.0574082095427026E-02 a        50     0     3     1     2
 -1.9663317260580078E+00 a        51     0     3     1     3
  4.8915201399072822E-01 a        52     0     3     1     4
  2.6850308366413222E-01 a        53     0     3     1     5
 -2.5061698005735313E+00 a        54     0     3     1     6
  8.9661682799177822E-01 a        55     0     3     1     7
 -1.3735759009739514E+00 a        56     0     3     1     8
 -2.4991855684408129E+00 a        57     0     3     1     9
  1.7050616998242898E+00 a        58     0     3     1    10
 -5.7182159430002455E-01 a        59     0     3     1    11
 -2.0458660277193803E+00 a        60     0     3     1    12
  3.2582423191105320E-01 a        61     0     3     1    13
 -7.7224099636567556E-01 a        62     0     3     1    14
 -7.9846083722201011E-01 a        63     0     3     1    15
 -5.0659721771997090E-01 a        64     0     3     1    16
  5.3367802130237552E-01 a        65     0     3     1    17
  4.0152513598518942E+00 a        66     0     3     1    18
 -1.6862469639472788E+00 a        67     0     3     1    19
 -1.1086184939901729E+00 a        68     0     3     1    20
 -2.9677034472242853E-01 a        69     0     3     1    21
 -1.1421361156943678E-01 a        70     0     3     1    22
  6.3743083581817994E-01 a        71     0     3     1    23
 -2.5405852740076833E+00 a        72     0     3     1    24
 -1.1360645285769158E+00 a        73     0     4     1     1
 -7.4502632131064495E-01 a        74     0     4     1     2
 -1.0986039429693548E+00 a        75     0     4     1     3
  6.9380510731076150E-01 a        76     0     4     1     4
  1.8602375145301522E-01 a        77     0     4     1     5
 -7.7830771447079206E-01 a        78     0     4     1     6
 -1.2598694308368716E+00 a        79     0     4     1     7
  9.6164581731028775E-01 a        80     0     4     1     8
  1.2759406439373494E-01 a        81     0     4     1     9
  2.3908260469278481E-01 a        82     0     4     1    10
 -6.8602552533373151E-01 a        83     0     4     1    11
  2.8451621376452740E-01 a        84     0     4     1    12
  6.3822235195090016E-01 a        85     0     4     1    13
  8.1317181496307900E-02 a        86     0     4     1    14
  4.9213015222997181E-01 a        87     0     4     1    15
  3.3048554784621997E-01 a        88     0     4     1    16
 -1.3917614099478251E-01 a        89     0     4     1    17
  1.5831090651277975E-02 a        90     0     4     1    18
 -3.0674842759700438E-01 a        91     0     4     1    19
 -5.5314065868335216E-01 a        92     0     4     1    20
 -4.9056027608161085E-01 a        93     0     4     1    21
 -4.3382963041144768E-01 a        94     0     4     1    22
 -1.4753039790453520E-01 a        95     0     4     1    23
  1.1304544753803847E+00 a        96     0     4     1    24
  9.6822916266788683E-01 a        97     0     5     1     1
 -4.0162903394307919E-01 a        98     0     5     1     2
  1.8616743480910709E+00 a        99     0     5     1     3
 -7.7643749242941607E-01 a       100     0     5     1     4
  4.8689391678204319E-01 a       101     0     5     1     5
  8.0362671374922656E-01 a       102     0     5     1     6
 -7.3364836635913955E-01 a       103     0     5     1     7
  5.3429751258018054E-01 a       104     0     5     1     8
  7.0314411923371545E-01 a       105     0     5     1     9
 -1.3584215509032878E+00 a       106     0     5     1    10
  3.0017753909612066E-01 a       107     0     5     1    11
  6.9934748047046902E-01 a       108     0     5     1    12
  2.6335377698209306E-01 a       109     0     5     1    13
 -4.9898530805549191E-01 a       110     0     5     1    14
  6.5198908921207688E-01 a       111     0     5     1    15
  6.9532138038798944E-02 a       112     0     5     1    16
 -1.5536427315585450E+00 a       113     0     5     1    17
 -3.0566992640796644E+00 a       114     0     5     1    18
  6.0744462036937286E-01 a       115     0     5     1    19
  1.8057046025338841E+00 a       116     0     5     1    20
  1.1768068000970375E+00 a       117     0     5     1    21
  7.3163239019971571E-01 a       118     0     5     1    22
 -1.4998050928318876E-01 a       119     0     5     1    23
  6.1872570389650194E-01 a       120     0     5     1    24
  1.5364005199671341E+01 a       121     0     6     1     1
 -2.7887606189754944E+01 a       122     0     6     1     2
  1.3206480404037485E+01 a       123     0     6     1     3
 -4.3044303319929611E+00 a       124     0     6     1     4
  5.8407315694961630E+00 a       125     0     6     1     5
 -3.4322827920023968E+01 a       126     0     6     1     6
 -4.5175727213372191E+01 a       127     0     6     1     7
  7.7615946880380832E+01 a       128     0     6     1     8
  3.3449820769519981E+01 a       129     0     6     1     9
  2.0963680418755139E+01 a       130     0     6     1    10
  8.0584886457884508E+00 a       131     0     6     1    11
 -2.2750885176735447E+00 a       132     0     6     1    12
 -4.8042565975635824E+01 a       133     0     6     1    13
 -3.8346353088258138E+00 a       134     0     6     1    14
  1.3158964520578627E+01 a       135     0     6     1    15
  3.3687765928775846E+01 a       136     0     6     1    16
  1.6175873065541968E+01 a       137     0     6     1    17
 -9.1959884541704806E+00 a       138     0     6     1    18
 -2.4201066487672950E+01 a       139     0     6     1    19
 -2.8597824454977239E+01 a       140     0     6     1    20
 -3.8386610009135147E+01 a       141     0     6     1    21
 -3.7866070432762491E+01 a       142     0     6     1    22
  1.7860695747158111E+01 a       143     0     6     1    23
 -1.7878632655395350E+01 a       144     0     6     1    24
 -7.6271030802009591E+01 a       145     0     7     1     1
 -4.3719970978806701E+00 a       146     0     7     1     2
 -3.0580708045035433E+01 a       147     0     7     1     3
 -5.0900053920608592E+01 a       148     0     7     1     4
 -2.9188568283296115E+00 a       149     0     7     1     5
 -2.5004536709068635E+01 a       150     0     7     1     6
  3.6626893183140039E+00 a       151     0     7     1     7
 -8.7709917233053734E+00 a       152     0     7     1     8
  2.4090108242387124E+01 a       153     0     7     1     9
 -1.6721371821912452E+01 a       154     0     7     1    10
 -2.9032557025388577E+01 a       155     0     7     1    11
  1.2838877911194633E+01 a       156     0     7     1    12
  3.1604019771881347E+01 a       157     0     7     1    13
  1.2434717965213649E+01 a       158     0     7     1    14
 -1.3891107875149581E+01 a       159     0     7     1    15
  7.9042031818243863E-01 a       160     0     7     1    16
 -1.9436883795422839E+00 a       161     0     7     1    17
 -5.4615522167408443E+01 a       162     0     7     1    18
 -2.8559801934722621E+01 a       163     0     7     1    19
 -5.6958126238372742E-01 a       164     0     7     1    20
 -2.9234311076804231E+00 a       165     0     7     1    21
  1.1688177802398195E+01 a       166     0     7     1    22
  2.2196060572994597E+01 a       167     0     7     1    23
  1.6365210019995196E+01 a       168     0     7     1    24
 -6.5662103925704983E+01 a       169     0     8     1     1
 -2.2692923829871440E+01 a       170     0     8     1     2
  6.7726421977085280E+00 a       171     0     8     1     3
  1.2962892586698396E+00 a       172     0     8     1     4
 -3.1753293699910984E+01 a       173     0     8     1     5
  2.6063143479652719E+01 a       174     0     8     1     6
 -4.8866907588200228E+01 a       175     0     8     1     7
 -1.1762975246292491E+01 a       176     0     8     1     8
 -1.2168130104302948E+01 a       177     0     8     1     9
 -4.5482635346068472E+00 a       178     0     8     1    10
  1.6072455687074537E+01 a       179     0     8     1    11
  7.7027337768096773E+00 a       180     0     8     1    12
  1.6760913706472213E+01 a       181     0     8     1    13
 -3.3876971226352268E+01 a       182     0     8     1    14
  1.9865126250744293E+01 a       183     0     8     1    15
 -5.7289572716357737E+00 a       184     0     8     1    16
  6.6157270195670321E+00 a       185     0     8     1    17
  2.3064088366911644E+01 a       186     0     8     1    18
  4.5024282666260220E+01 a       187     0     8     1    19
  3.8962302323553239E+01 a       188     0     8     1    20
  4.0965194403539321E+01 a       189     0     8     1    21
  4.3953130212481710E+01 a       190     0     8     1    22
  4.0750620940141751E+01 a       191     0     8     1    23
  2.8167896491945228E+01 a       192     0     8     1    24
  8.1831130405607677E+00 a       193     0     9     1     1
 -2.0267358845857292E+01 a       194     0     9     1     2
  6.0592708572009144E+01 a       195     0     9     1     3
  6.6383358857899680E+01 a       196     0     9     1     4
 -5.6115113170944795E+01 a       197     0     9     1     5
  1.4354358698833503E+01 a       198     0     9     1     6
 -4.7423632635284811E+01 a       199     0     9     1     7
  3.4617276570741147E+01 a       200     0     9     1     8
  2.1898918952155055E+00 a       201     0     9     1     9
  5.8713686918968598E+01 a       202     0     9     1    10
  5.6771644377552491E+01 a       203     0     9     1    11
 -3.5683321261154205E+01 a       204     0     9     1    12
 -1.3884828564194430E+01 a       205     0     9     1    13
 -2.1772220154694832E+01 a       206     0     9     1    14
  1.1914735037186007E+01 a       207     0     9     1    15
  3.3031427129332045E+01 a       208     0     9     1    16
  1.7528650604134793E+01 a       209     0     9     1    17
  4.0930477792861915E+01 a       210     0     9     1    18
  2.7584300078359469E+01 a       211     0     9     1    19
 -1.1957605789298007E+01 a       212     0     9     1    20
  1.6315331045256482E+01 a       213     0     9     1    21
 -2.2969076461401386E+01 a       214     0     9     1    22
  6.2701057565015930E+00 a       215     0     9     1    23
 -4.0272278900029271E+01 a       216     0     9     1    24
  1.6718341401254304E+00 a       217     0    10     1     1
  1.3085384525436952E+00 a       218     0    10     1     2
 -1.6577218527793760E+00 a       219     0    10     1     3
 -3.7477716733842448E-01 a       220     0    10     1     4
  2.2867337232424161E+00 a       221     0    10     1     5
  3.1837196132225531E+00 a       222     0    10     1     6
  9.8456392981216450E+00 a       223     0    10     1     7
 -7.2172585419797786E+00 a       224     0    10     1     8
 -5.9982075299848994E+00 a       225     0    10     1     9
 -3.7371444696015266E-01 a       226     0    10     1    10
  1.2701472614133760E-01 a       227     0    10     1    11
 -2.5270289840380533E+00 a       228     0    10     1    12
  4.9693296295364009E+00 a       229     0    10     1    13
 -6.6514640568619138E-02 a       230     0    10     1    14
 -7.0194583583114891E+00 a       231     0    10     1    15
 -3.3471371401035133E+00 a       232     0    10     1    16
 -7.7269281809050083E+00 a       233     0    10     1    17
 -2.7545890431808284E-01 a       234     0    10     1    18
  2.2604053180996595E+00 a       235     0    10     1    19
  2.0541517721863638E+00 a       236     0    10     1    20
  6.8398059324447145E+00 a       237     0    10     1    21
  3.8853198694543192E+00 a       238     0    10     1    22
 -3.6370499715971008E+00 a       239     0    10     1    23
 -2.1267778181918526E+00 a       240     0    10     1    24
  3.8865758114424627E+00 a       241     0    11     1     1
  9.4757223131989186E+00 a       242     0    11     1     2
  7.1348441411993564E+00 a       243     0    11     1     3
  1.3580068223555057E+00 a       244     0    11     1     4
 -7.3010953179503446E-01 a       245     0    11     1     5
 -2.7535714318219116E+00 a       246     0    11     1     6
 -7.7479945668566330E-01 a       247     0    11     1     7
  6.7782266378822902E+00 a       248     0    11     1     8
  9.6615457936905763E-02 a       249     0    11     1     9
  4.7896543405966663E-01 a       250     0    11     1    10
  1.3031588493792903E+01 a       251     0    11     1    11
 -2.8381796556734740E+00 a       252     0    11     1    12
 -1.0928408188639992E+01 a       253     0    11     1    13
  4.0264297945599425E+00 a       254     0    11     1    14
 -5.1135150335606661E-01 a       255     0    11     1    15
  1.0702179609535722E+01 a       256     0    11     1    16
  1.0093596327673546E+00 a       257     0    11     1    17
  3.3510365629722365E+00 a       258     0    11     1    18
  6.7200392294594415E+00 a       259     0    11     1    19
 -1.0701650975389700E+01 a       260     0    11     1    20
  6.4145396577608054E+00 a       261     0    11     1    21
  3.9948801373260756E+00 a       262     0    11     1    22
  4.9864634683516327E+00 a       263     0    11     1    23
 -4.4514977674696645E+00 a       264     0    11     1    24
  9.2583919072643290E+00 a       265     0    12     1     1
 -2.5531404905001307E+00 a       266     0    12     1     2
  2.4588053018176512E+00 a       267     0    12     1     3
  3.2163770774965932E+00 a       268     0    12     1     4
  2.9258212389984259E+00 a       269     0    12     1     5
  4.9752241369196870E+00 a       270     0    12     1     6
  6.5798988009900095E+00 a       271     0    12     1     7
 -1.0490913701875193E+00 a       272     0    12     1     8
  5.0070753744554741E+00 a       273     0    12     1     9
 -6.6276657135526715E+00 a       274     0    12     1    10
  5.5182603470082459E-01 a       275     0    12     1    11
  7.7861862096618326E+00 a       276     0    12     1    12
  3.5384006011602795E+00 a       277     0    12     1    13
 -4.3753064885056264E-03 a       278     0    12     1    14
 -3.1249837897077648E+00 a       279     0    12     1    15
  4.1099980641088250E+00 a       280     0    12     1    16
  8.1391134207186191E+00 a       281     0    12     1    17
 -8.2509939666125760E+00 a       282     0    12     1    18
  9.1218277547261657E+00 a       283     0    12     1    19
 -1.2865452543692305E+01 a       284     0    12     1    20
 -3.4411801762105885E+00 a       285     0    12     1    21
 -5.9205547131550409E+00 a       286     0    12     1    22
  6.3939879141545113E+00 a       287     0    12     1    23
 -6.9789112762155101E+00 a       288     0    12     1    24
  5.1802281142802116E+00 a       289     0    13     1     1
 -3.7810176612464383E+00 a       290     0    13     1     2
  5.5668005244139129E+00 a       291     0    13     1     3
 -3.7803234701185451E-01 a       292     0    13     1     4
  3.5953153214188625E+00 a       293     0    13     1     5
  5.8455192547205248E-01 a       294     0    13     1     6
 -6.9424203969891618E-01 a       295     0    13     1     7
  5.4117931448429477E+00 a       296     0    13     1     8
  3.4456454943754848E+00 a       297     0    13     1     9
  3.1674006023977834E+00 a       298     0    13     1    10
  2.2922148994272452E-02 a       299     0    13     1    11
 -1.9046868069728800E+00 a       300     0    13     1    12
  8.8075011402438796E-01 a       301     0    13     1    13
 -2.1523037806954282E+00 a       302     0    13     1    14
  1.2419761984014155E+00 a       303     0    13     1    15
 -2.9828068464020139E+00 a       304     0    13     1    16
 -5.8608329810517796E+00 a       305     0    13     1    17
 -6.2266506082729025E+00 a       306     0    13     1    18
 -9.8267216262651075E-03 a       307     0    13     1    19
 -4.1202242841418464E+00 a       308     0    13     1    20
 -2.1304680471651580E+00 a       309     0    13     1    21
 -3.1558171829217909E+00 a       310     0    13     1    22
  3.6103581302530334E+00 a       311     0    13     1    23
 -4.4895902152009776E-01 a       312     0    13     1    24
  1.9569663396992087E+00 a       313     0    14     1     1
 -1.7418533524664415E+00 a       314     0    14     1     2
 -3.1725472666816925E+00 a       315     0    14     1     3
 -6.2997703463850714E+00 a       316     0    14     1     4
  2.3733649708907714E+00 a       317     0    14     1     5
 -2.0453362920366804E+00 a       318     0    14     1     6
  5.6321423768016672E+00 a       319     0    14     1     7
 -7.6217956578912691E+00 a       320     0    14     1     8
  3.3838380939270563E-01 a       321     0    14     1     9
 -1.7437798624261930E+01 a       322     0    14     1    10
 -7.5962900939236748E+00 a       323     0    14     1    11
  4.2647611033815505E+00 a       324     0    14     1    12
 -4.2132835520594636E+00 a       325     0    14     1    13
 -2.0540300391090591E+00 a       326     0    14     1    14
 -3.5044990222059219E-01 a       327     0    14     1    15
 -3.4171553289710217E+00 a       328     0    14     1    16
 -3.2679187224942630E+00 a       329     0    14     1    17
 -5.5536727238528991E+00 a       330     0    14     1    18
  6.9365758243464306E+00 a       331     0    14     1    19
 -8.2287134356582470E-01 a       332     0    14     1    20
 -6.2457873960719859E+00 a       333     0    14     1    21
  2.9894646698585090E+00 a       334     0    14     1    22
 -5.9458808884682366E+00 a       335     0    14     1    23
 -2.1172690540385202E+00 a       336     0    14     1    24
 -1.0424265541112813E+01 a       337     0    15     1     1
 -6.8570075515873707E+00 a       338     0    15     1     2
 -7.9238571557695510E+00 a       339     0    15     1     3
  4.5224126741353228E+00 a       340     0    15     1     4
 -2.4548804236070541E+00 a       341     0    15     1     5
 -1.5551869373205379E+01 a       342     0    15     1     6
 -1.4908714185628794E+01 a       343     0    15     1     7
  1.1013664150168863E+00 a       344     0    15     1     8
  2.9674921632702262E+00 a       345     0    15     1     9
 -2.3855944013199188E+00 a       346     0    15     1    10
 -1.2518859826636611E+01 a       347     0    15     1    11
  6.6527195294304073E+00 a       348     0    15     1    12
  5.9470077786111109E+00 a       349     0    15     1    13
 -8.4814332341180982E+00 a       350     0    15     1    14
  1.7014202811261004E+01 a       351     0    15     1    15
 -4.4313562820271617E+00 a       352     0    15     1    16
  1.3507189276501173E+01 a       353     0    15     1    17
 -4.7556498718060229E+00 a       354     0    15     1    18
 -1.1850699004461964E+01 a       355     0    15     1    19
 -3.5408006395939595E+00 a       356     0    15     1    20
 -1.7443217511710781E+01 a       357     0    15     1    21
 -3.0908840958438488E+00 a       358     0    15     1    22
  4.5551826247628062E+00 a       359     0    15     1    23
  5.2029798495394406E+00 a       360     0    15     1    24
 -1.8435476330905388E+01 a       361     0    16     1     1
 -1.0658339298865907E-01 a       362     0    16     1     2
  4.7024361101637480E+00 a       363     0    16     1     3
 -6.4443850522752451E+00 a       364     0    16     1     4
 -1.6842371085979011E+00 a       365     0    16     1     5
  5.4713182319646991E+00 a       366     0    16     1     6
 -4.9792717497382073E+00 a       367     0    16     1     7
  5.9886384130619374E-01 a       368     0    16     1     8
  2.7378351285291629E+00 a       369     0    16     1     9
  5.4338906669111848E+00 a       370     0    16     1    10
  2.7949827285201705E+00 a       371     0    16     1    11
 -6.8450238179389391E+00 a       372     0    16     1    12
  1.0319908780603026E+01 a       373     0    16     1    13
 -6.6787681056090955E+00 a       374     0    16     1    14
  5.6911447275129179E+00 a       375     0    16     1    15
  3.6087109088612963E+00 a       376     0    16     1    16
  1.1198173904836208E+00 a       377     0    16     1    17
 -2.7762296760744363E+01 a       378     0    16     1    18
 -1.1467066989525605E+01 a       379     0    16     1    19
  6.3964156929521527E+00 a       380     0    16     1    20
  9.0420872011909630E+00 a       381     0    16     1    21
 -5.1506137459377426E+00 a       382     0    16     1    22
  9.9989869068767074E+00 a       383     0    16     1    23
  1.4549288601251542E+00 a       384     0    16     1    24
  7.2649806688912451E+00 a       385     0    17     1     1
  2.4881091307275675E+01 a       386     0    17     1     2
  6.1854454494903228E+00 a       387     0    17     1     3
  5.4027316353518678E+01 a       388     0    17     1     4
  4.6634934974269349E+01 a       389     0    17     1     5
  2.7118659874420697E+01 a       390     0    17     1     6
  4.0210716375460471E+01 a       391     0    17     1     7
 -8.9912545494320341E+01 a       392     0    17     1     8
 -2.3886214788808537E+01 a       393     0    17     1     9
 -4.5934709194250807E+01 a       394     0    17     1    10
 -1.4089840797995112E+01 a       395     0    17     1    11
 -1.3078283113193937E+01 a       396     0    17     1    12
  1.2122077957965583E+01 a       397     0    17     1    13
 -7.8742470670333358E+00 a       398     0    17     1    14
  1.6393821692781394E+01 a       399     0    17     1    15
 -6.8025839394197729E-01 a       400     0    17     1    16
  2.1410547680082857E+01 a       401     0    17     1    17
 -6.3894376630303693E+00 a       402     0    17     1    18
 -3.9202643180292903E+01 a       403     0    17     1    19
  3.6175671659693222E+01 a       404     0    17     1    20
  1.1171227843934892E+01 a       405     0    17     1    21
 -1.4843764479449918E+01 a       406     0    17     1    22
 -4.5791176302613998E+01 a       407     0    17     1    23
  2.6508562489066176E+01 a       408     0    17     1    24
 -2.7029826703812386E+01 a       409     0    18     1     1
  5.8959369342959221E+01 a       410     0    18     1     2
  1.7564827943168833E+00 a       411     0    18     1     3
  6.2717689191928358E+01 a       412     0    18     1     4
  2.9341343826314780E+01 a       413     0    18     1     5
  1.8790164462104773E+01 a       414     0    18     1     6
 -1.0959806176929687E+01 a       415     0    18     1     7
  1.4973220785540489E+01 a       416     0    18     1     8
 -1.5816882442637899E+01 a       417     0    18     1     9
 -2.7132586324858618E+01 a       418     0    18     1    10
  6.2980966386507028E+01 a       419     0    18     1    11
  5.6999711804777156E+01 a       420     0    18     1    12
 -6.8040148208219463E+01 a       421     0    18     1    13
 -2.1790461016755810E+01 a       422     0    18     1    14
 -4.7345341986026428E+00 a       423     0    18     1    15
 -1.1493054704273456E+01 a       424     0    18     1    16
 -3.1574331393171335E+01 a       425     0    18     1    17
  2.2856952082114319E+01 a       426     0    18     1    18
  6.2256148311257171E+01 a       427     0    18     1    19
  5.8625158139269704E+00 a       428     0    18     1    20
 -2.1715407662095988E+01 a       429     0    18     1    21
 -5.4623658254829461E+00 a       430     0    18     1    22
  5.2684868524793931E+00 a       431     0    18     1    23
 -4.7865126070142816E+00 a       432     0    18     1    24
  1.7064064577046608E+01 a       433     0    19     1     1
  6.5317935610317875E+01 a       434     0    19     1     2
 -3.1861901062631095E+01 a       435     0    19     1     3
 -2.4635532763233453E+01 a       436     0    19     1     4
 -2.1277431135108582E+01 a       437     0    19     1     5
  1.4301620284772499E+01 a       438     0    19     1     6
  7.9719188420600730E+01 a       439     0    19     1     7
 -7.3470769606955329E+01 a       440     0    19     1     8
 -1.9308519411669693E+01 a       441     0    19     1     9
 -1.3003373042679103E+01 a       442     0    19     1    10
 -2.5845473852688961E+01 a       443     0    19     1    11
  1.6566862213905711E+01 a       444     0    19     1    12
  5.8581922856163999E+01 a       445     0    19     1    13
  4.6754563605774592E+01 a       446     0    19     1    14
 -2.5913664331770086E+01 a       447     0    19     1    15
 -5.2789472128825786E+01 a       448     0    19     1    16
 -1.9209773618533099E+01 a       449     0    19     1    17
  6.3993896129151295E-01 a       450     0    19     1    18
  1.9471992884330650E+01 a       451     0    19     1    19
 -2.0993028448138671E+00 a       452     0    19     1    20
 -2.7958754006559641E+00 a       453     0    19     1    21
  3.2359999779424037E+01 a       454     0    19     1    22
 -4.4173290578875019E+01 a       455     0    19     1    23
  8.7630848805652271E+00 a       456     0    19     1    24
  7.9587050208462173E+01 a       457     0    20     1     1
  6.8112444699073231E+00 a       458     0    20     1     2
 -9.0955829732153983E+00 a       459     0    20     1     3
 -1.5379860246775362E+01 a       460     0    20     1     4
  1.4589921808318417E+01 a       461     0    20     1     5
  2.3751002806625454E+01 a       462     0    20     1     6
  3.8891247151239590E+01 a       463     0    20     1     7
 -7.7153873125183070E+00 a       464     0    20     1     8
 -3.8731693022179186E+01 a       465     0    20     1     9
  4.6791726926768433E+01 a       466     0    20     1    10
 -1.1799659087177803E+01 a       467     0    20     1    11
 -2.9084462052956784E+01 a       468     0    20     1    12
  2.1638556989821481E+01 a       469     0    20     1    13
  2.5847918991765358E+01 a       470     0    20     1    14
  2.4849750209365936E+01 a       471     0    20     1    15
 -2.4497160111365783E+01 a       472     0    20     1    16
  3.8528038689709085E+01 a       473     0    20     1    17
  2.4837843522192738E+01 a       474     0    20     1    18
 -6.0717130423544049E+01 a       475     0    20     1    19
  1.3980911592746935E+01 a       476     0    20     1    20
  6.1700775365583747E+00 a       477     0    20     1    21
 -2.3069159173920053E+01 a       478     0    20     1    22
 -1.7048773837245147E+01 a       479     0    20     1    23
  2.4083379927183774E+01 a       480     0    20     1    24
  8.5275061578852629E-01 a       481     0    21     1     1
  2.5377600239831422E+00 a       482     0    21     1     2
  1.7275324663272411E+00 a       483     0    21     1     3
 -1.7206641793372401E+00 a       484     0    21     1     4
 -1.0966524572843035E+01 a       485     0    21     1     5
 -5.9054415978850292E+00 a       486     0    21     1     6
 -6.7926425179332144E+00 a       487     0    21     1     7
  2.1674119718411273E+01 a       488     0    21     1     8
  4.1876450071449556E+00 a       489     0    21     1     9
  4.4380834177569781E+00 a       490     0    21     1    10
  7.2627210960273905E+00 a       491     0    21     1    11
  4.1168482927602552E+00 a       492     0    21     1    12
 -7.6473914836074472E+00 a       493     0    21     1    13
  1.5931424527711635E+00 a       494     0    21     1    14
  2.5543439873148097E+00 a       495     0    21     1    15
  6.9627563962172276E+00 a       496     0    21     1    16
  1.0660605502761962E+00 a       497     0    21     1    17
  4.9075340587128338E+00 a       498     0    21     1    18
  8.6774541888765508E+00 a       499     0    21     1    19
 -7.4129035530218967E+00 a       500     0    21     1    20
  5.1305586188322505E-01 a       501     0    21     1    21
  4.2104934487619916E+00 a       502     0    21     1    22
  9.0982278682869229E+00 a       503     0    21     1    23
 -4.4964953200830022E+00 a       504     0    21     1    24
  8.7597126395024763E+00 a       505     0    22     1     1
 -1.0131113090083716E+01 a       506     0    22     1     2
 -4.2782452750051969E-01 a       507     0    22     1     3
 -2.4493847704539604E+00 a       508     0    22     1     4
 -5.8372833415720748E+00 a       509     0    22     1     5
 -3.1618487791702350E+00 a       510     0    22     1     6
  7.5248812164084500E+00 a       511     0    22     1     7
  6.9030149860199141E-01 a       512     0    22     1     8
  7.2007225350916970E+00 a       513     0    22     1     9
  1.6448002547301879E+00 a       514     0    22     1    10
 -1.3219042770313777E+01 a       515     0    22     1    11
 -3.8342648825001602E+00 a       516     0    22     1    12
  1.7474530595643817E+01 a       517     0    22     1    13
  1.6279961695118830E+00 a       518     0    22     1    14
 -3.7202572229426578E+00 a       519     0    22     1    15
  4.3674269670994086E+00 a       520     0    22     1    16
  1.6466298192076252E+01 a       521     0    22     1    17
 -9.1017066372458508E+00 a       522     0    22     1    18
 -6.0172232259600422E+00 a       523     0    22     1    19
 -9.8722610135420439E+00 a       524     0    22     1    20
 -1.6274200317468972E+00 a       525     0    22     1    21
  7.0438931088805790E-01 a       526     0    22     1    22
  6.6572039091789419E+00 a       527     0    22     1    23
 -4.3695103024261277E+00 a       528     0    22     1    24
  2.1797971998249285E+01 a       529     0    23     1     1
 -2.0865748166868492E+01 a       530     0    23     1     2
 -4.8594079822611732E+01 a       531     0    23     1     3
 -2.2566981280248388E+01 a       532     0    23     1     4
 -4.6450829926732389E+01 a       533     0    23     1     5
 -6.1893638614187658E+00 a       534     0    23     1     6
  8.1417458461122962E+01 a       535     0    23     1     7
 -1.8673223136444901E+00 a       536     0    23     1     8
 -7.5565128791613470E+00 a       537     0    23     1     9
 -1.7466322999035292E+01 a       538     0    23     1    10
 -4.4930458210204520E+01 a       539     0    23     1    11
  1.3426578601041125E+01 a       540     0    23     1    12
 -2.3924170511075420E+01 a       541     0    23     1    13
  1.0112865154774530E+01 a       542     0    23     1    14
 -3.1124659707756223E+01 a       543     0    23     1    15
 -2.5638529864010522E+00 a       544     0    23     1    16
  5.8510469194730952E+00 a       545     0    23     1    17
 -4.6781497102724874E+00 a       546     0    23     1    18
 -2.3115669831178430E+01 a       547     0    23     1    19
  6.2600705999885147E+00 a       548     0    23     1    20
 -3.7542345292985964E+01 a       549     0    23     1    21
 -3.8433884875919546E+01 a       550     0    23     1    22
 -3.7133195925289243E+01 a       551     0    23     1    23
 -8.4672594950805706E+00 a       552     0    23     1    24
  4.9735438128072254E+01 a       553     0    24     1     1
 -5.6508455599320460E+00 a       554     0    24     1     2
 -3.3507843732938865E+00 a       555     0    24     1     3
 -6.1538300823908145E+01 a       556     0    24     1     4
 -5.7936272585643245E+00 a       557     0    24     1     5
 -3.1703815676821169E+01 a       558     0    24     1     6
  1.0798009225860694E+01 a       559     0    24     1     7
 -6.6734996619259697E+00 a       560     0    24     1     8
  8.5150420053263698E+00 a       561     0    24     1     9
  1.8687259609502139E+01 a       562     0    24     1    10
 -5.7498581161610524E+01 a       563     0    24     1    11
 -3.4204109895055915E+01 a       564     0    24     1    12
  1.8950588446481767E+01 a       565     0    24     1    13
  1.9922426352372749E+01 a       566     0    24     1    14
 -3.2034817798991789E+01 a       567     0    24     1    15
 -2.8394859152522464E+01 a       568     0    24     1    16
  1.7913760328300722E+01 a       569     0    24     1    17
  2.8004701586501170E+01 a       570     0    24     1    18
 -4.5883089386896394E+01 a       571     0    24     1    19
  2.2352334481509644E+00 a       572     0    24     1    20
  3.8398366036730254E+00 a       573     0    24     1    21
  3.0589913915398007E+01 a       574     0    24     1    22
  1.3245295153868746E+01 a       575     0    24     1    23
  6.3088162803535788E+01 a       576     0    24     1    24
 -1.3859664306662321E+01 a       577     0    25     1     1
 -2.5209516622141248E+01 a       578     0    25     1     2
  1.3462142226163689E+01 a       579     0    25     1     3
 -5.8536795001874786E+00 a       580     0    25     1     4
  2.5311951839272584E+01 a       581     0    25     1     5
 -4.6228823859669195E+00 a       582     0    25     1     6
 -4.9359103507940986E+01 a       583     0    25     1     7
  1.4068755350348962E+01 a       584     0    25     1     8
  9.4694774379757085E+00 a       585     0    25     1     9
  2.2445865477533946E+01 a       586     0    25     1    10
  4.9239040620261854E+00 a       587     0    25     1    11
 -4.4770479208535541E+00 a       588     0    25     1    12
  1.6813565019279224E+01 a       589     0    25     1    13
 -1.3448323547657569E+01 a       590     0    25     1    14
  6.6244563665748650E+00 a       591     0    25     1    15
 -9.7952982777836883E+00 a       592     0    25     1    16
 -1.0439243017251339E+01 a       593     0    25     1    17
 -7.7558333459976261E+00 a       594     0    25     1    18
 -3.7721937583877069E-01 a       595     0    25     1    19
  9.2559426359761643E-01 a       596     0    25     1    20
  2.5843830760326947E+00 a       597     0    25     1    21
  4.0940778291294233E+00 a       598     0    25     1    22
  2.3573399125895119E+01 a       599     0    25     1    23
 -2.2059211338555121E-01 a       600     0    25     1    24
 -4.6021678092310047E+01 a       601     0    26     1     1
 -5.4109381770767406E+00 a       602     0    26     1     2
 -4.7978644913596042E+00 a       603     0    26     1     3
  3.2132320674469437E+00 a       604     0    26     1     4
 -2.4080826412738094E+00 a       605     0    26     1     5
 -3.5055563447993658E+00 a       606     0    26     1     6
 -2.0259826715913750E+01 a       607     0    26     1     7
 -4.2474360187896227E+00 a       608     0    26     1     8
 -8.7178433811037284E+00 a       609     0    26     1     9
 -9.3121460730082966E+00 a       610     0    26     1    10
  1.1905883347659458E+01 a       611     0    26     1    11
 -1.0308365764598499E+00 a       612     0    26     1    12
 -1.1015399191150095E+01 a       613     0    26     1    13
 -4.7054121194261285E+00 a       614     0    26     1    14
  1.9956125949774837E+01 a       615     0    26     1    15
  8.1600604202716873E+00 a       616     0    26     1    16
 -3.6494993931511772E+01 a       617     0    26     1    17
 -8.1165875987323961E+00 a       618     0    26     1    18
  2.8923175700463331E+00 a       619     0    26     1    19
  2.0604883694869059E+01 a       620     0    26     1    20
  9.6020234776890749E+00 a       621     0    26     1    21
  2.8574813709966342E+00 a       622     0    26     1    22
 -2.1092803307845845E+01 a       623     0    26     1    23
 -1.3339885969083147E+01 a       624     0    26     1    24
  3.0024269807147313E+01 a       625     0    27     1     1
  4.2667035431672362E-01 a       626     0    27     1     2
  2.6025855006541448E+01 a       627     0    27     1     3
 -9.1783298168959000E+00 a       628     0    27     1     4
  2.1090051475125655E+01 a       629     0    27     1     5
  1.6037888781528537E+01 a       630     0    27     1     6
  1.2031506770279321E+01 a       631     0    27     1     7
  2.7450238432535851E+01 a       632     0    27     1     8
  6.8281251780989860E-01 a       633     0    27     1     9
  2.1971327009357967E+01 a       634     0    27     1    10
  2.9977338451930347E+01 a       635     0    27     1    11
 -1.9651905690514994E+01 a       636     0    27     1    12
 -1.2557168702970381E+01 a       637     0    27     1    13
  1.0326443471533302E+01 a       638     0    27     1    14
 -3.3905189855970882E+01 a       639     0    27     1    15
  1.2148717893694448E+01 a       640     0    27     1    16
 -3.9849217013386465E+01 a       641     0    27     1    17
 -8.3714417322908408E-01 a       642     0    27     1    18
  1.7187237642558266E+01 a       643     0    27     1    19
 -1.4725922586769709E+01 a       644     0    27     1    20
  3.2974383024575197E+01 a       645     0    27     1    21
  1.7708797317485139E+00 a       646     0    27     1    22
  7.3116903780728695E+00 a       647     0    27     1    23
 -2.6032201620297283E+01 a       648     0    27     1    24
  3.9584319009067215E+01 a       649     0    28     1     1
 -1.3619099715368954E+01 a       650     0    28     1     2
 -1.6905794624068843E+01 a       651     0    28     1     3
  7.0986000270870897E-01 a       652     0    28     1     4
  2.0123407909779758E+01 a       653     0    28     1     5
 -1.6449370492429431E+01 a       654     0    28     1     6
  1.5444575075085687E+01 a       655     0    28     1     7
 -1.9895225038593260E+01 a       656     0    28     1     8
 -9.9583689166448508E-01 a       657     0    28     1     9
 -6.0484443502558030E+01 a       658     0    28     1    10
 -3.1816431551234086E+01 a       659     0    28     1    11
  2.3134582030687749E+01 a       660     0    28     1    12
 -2.0706051052852359E+01 a       661     0    28     1    13
  4.1720380921460203E+00 a       662     0    28     1    14
 -1.0647681082914435E+01 a       663     0    28     1    15
 -4.9099810169085840E+00 a       664     0    28     1    16
 -2.8398886575950030E+01 a       665     0    28     1    17
  2.7773762715263057E+01 a       666     0    28     1    18
  4.1205581898024057E+01 a       667     0    28     1    19
 -1.6759188201677826E+01 a       668     0    28     1    20
 -1.9731128555455957E+01 a       669     0    28     1    21
  2.4585467037587001E+01 a       670     0    28     1    22
 -3.4284330685270390E+01 a       671     0    28     1    23
 -1.3126471000021160E+01 a       672     0    28     1    24
 -1.3334657381294846E+01 a       673     0    29     1     1
  4.2417121819380821E+00 a       674     0    29     1     2
  1.1106928929527395E+01 a       675     0    29     1     3
  7.8026817613230621E+00 a       676     0    29     1     4
  7.3350558810870892E+00 a       677     0    29     1     5
 -1.8907177581082479E+01 a       678     0    29     1     6
 -5.3202406804879232E+01 a       679     0    29     1     7
  2.9889329359053725E+01 a       680     0    29     1     8
  1.4301124370168173E+01 a       681     0    29     1     9
  1.0120004399509702E+01 a       682     0    29     1    10
  1.9332330028310054E+01 a       683     0    29     1    11
 -2.3067596976698104E-01 a       684     0    29     1    12
 -1.3283511427333162E+01 a       685     0    29     1    13
 -2.4766711432505844E+00 a       686     0    29     1    14
  2.1582922694601589E+01 a       687     0    29     1    15
  1.8170080228081375E+01 a       688     0    29     1    16
  1.6436367785205508E+01 a       689     0    29     1    17
  7.4030210292481806E+00 a       690     0    29     1    18
  1.3104111004422730E-01 a       691     0    29     1    19
 -1.2090354414184580E+01 a       692     0    29     1    20
 -4.1452144784489731E+00 a       693     0    29     1    21
  5.3865501235928495E+00 a       694     0    29     1    22
  1.7725863164669317E+01 a       695     0    29     1    23
 -2.0243837023389974E+00 a       696     0    29     1    24
 -4.8206341910680564E+01 a       697     0    30     1     1
 -1.6918288666199713E-01 a       698     0    30     1     2
 -4.0232611910738285E+00 a       699     0    30     1     3
  4.3711793158140635E+00 a       700     0    30     1     4
 -3.5321273816162084E+00 a       701     0    30     1     5
  9.3972429943890319E+00 a       702     0    30     1     6
 -5.5142917657659538E+00 a       703     0    30     1     7
  8.2079961592629100E+00 a       704     0    30     1     8
  1.2868074477874664E+01 a       705     0    30     1     9
  1.6794202906336338E+01 a       706     0    30     1    10
  2.0758588779430081E+01 a       707     0    30     1    11
  4.9427825018056710E+00 a       708     0    30     1    12
  1.8517724354494003E+01 a       709     0    30     1    13
 -2.8370331046514177E+00 a       710     0    30     1    14
  6.5025365112108657E+00 a       711     0    30     1    15
  1.7895910512296719E+01 a       712     0    30     1    16
  7.9067768424880702E+00 a       713     0    30     1    17
 -3.6621917239446752E+01 a       714     0    30     1    18
 -9.8119993389783069E+00 a       715     0    30     1    19
  2.5139069730929653E+00 a       716     0    30     1    20
  9.5439896053715199E+00 a       717     0    30     1    21
 -1.4310533353277407E+01 a       718     0    30     1    22
  1.8958126996594530E+01 a       719     0    30     1    23
 -1.8366527589312000E+01 a       720     0    30     1    24
 -7.8711542351069763E+00 a       721     0    31     1     1
  2.2510438859384179E+00 a       722     0    31     1     2
 -2.8417302090100862E+00 a       723     0    31     1     3
  2.4735097520615388E+00 a       724     0    31     1     4
 -2.3773523743349543E+00 a       725     0    31     1     5
 -8.0958614966612874E+00 a       726     0    31     1     6
  1.5213599455684308E+00 a       727     0    31     1     7
  8.2341438844621792E-02 a       728     0    31     1     8
 -1.0419138926810239E+01 a       729     0    31     1     9
  6.4620309640045877E+00 a       730     0    31     1    10
  3.1847211998213254E+00 a       731     0    31     1    11
 -5.0446831936708048E+00 a       732     0    31     1    12
  4.5779423103497346E-01 a       733     0    31     1    13
 -3.1438119470029402E-01 a       734     0    31     1    14
 -5.2326410181026017E-01 a       735     0    31     1    15
 -9.6325518679635208E-02 a       736     0    31     1    16
  8.8980801396609588E-01 a       737     0    31     1    17
  1.0506655313057495E+01 a       738     0    31     1    18
 -5.1247421342915471E+00 a       739     0    31     1    19
 -2.8910410594216085E+00 a       740     0    31     1    20
  1.5546774192430379E+00 a       741     0    31     1    21
 -8.7569058308461301E-01 a       742     0    31     1    22
  2.7640283955960392E+00 a       743     0    31     1    23
 -2.4932150214091044E+00 a       744     0    31     1    24
  2.1730904137506296E-01 a       745     0    32     1     1
 -1.2902366577914776E-01 a       746     0    32     1     2
 -1.9262650128491189E-02 a       747     0    32     1     3
  6.8073707963365926E-01 a       748     0    32     1     4
  2.0417489911292463E-01 a       749     0    32     1     5
 -2.5929703503151535E-01 a       750     0    32     1     6
  2.4162601225363917E-01 a       751     0    32     1     7
  5.0010957732553429E-01 a       752     0    32     1     8
 -1.9006397870706397E+00 a       753     0    32     1     9
 -9.1686125402247398E-01 a       754     0    32     1    10
 -5.5314999817150090E-01 a       755     0    32     1    11
 -3.3343346531087148E-01 a       756     0    32     1    12
  1.7194155514248313E-01 a       757     0    32     1    13
  6.6356865605207715E-01 a       758     0    32     1    14
 -7.8541109829500055E-01 a       759     0    32     1    15
  5.7721020833365644E-01 a       760     0    32     1    16
 -1.5810796295745369E-01 a       761     0    32     1    17
 -3.0854496528629094E-01 a       762     0    32     1    18
  9.4904271825274311E-01 a       763     0    32     1    19
 -6.0349137665825203E-01 a       764     0    32     1    20
  4.9383285892086154E-01 a       765     0    32     1    21
 -3.5374766908706090E-01 a       766     0    32     1    22
  3.4438742982739323E-01 a       767     0    32     1    23
 -2.1944624007429411E-01 a       768     0    32     1    24
  1.0477167350818162E-01 b       769     1     1
 -5.0427460486224283E-02 b       770     1     2
 -2.5296165233200069E-01 b       771     1     3
  8.9228462079863499E-02 b       772     1     4
 -1.4714938285707305E-01 b       773     1     5
  2.2376891789577921E-01 b       774     1     6
 -1.5810994354509367E-01 b       775     1     7
  3.3219578469183542E-01 b       776     1     8
  1.5137695173582599E-01 b       777     1     9
  1.3166249902813362E-01 b       778     1    10
  3.1933233290982646E-02 b       779     1    11
  5.8288291400691798E-02 b       780     1    12
  4.1041243889097724E-02 b       781     1    13
 -2.1208964998764152E-01 b       782     1    14
 -1.6983657320599161E-02 b       783     1    15
 -2.4592260141678046E-03 b       784     1    16
 -7.9142619459149618E-02 b       785     1    17
  6.4519311957204686E-02 b       786     1    18
 -2.7116460780887580E-01 b       787     1    19
 -5.9634061226535168E-02 b       788     1    20
 -2.6308835118974697E-02 b       789     1    21
 -1.5951088495657104E-02 b       790     1    22
  1.2984904340729448E-02 b       791     1    23
  2.3860472961681777E-02 b       792     1    24
 -4.7032504408141236E+00 a       793     1     1     2     1
 -5.1555746906852988E+00 a       794     1     1     2     2
  2.3998223732626087E+00 a       795     1     1     2     3
 -2.8252261957134728E+00 a       796     1     1     2     4
  2.4543048389596578E-01 a       797     1     1     2     5
 -5.8018145646910990E-01 a       798     1     1     2     6
  1.8282936385954598E-01 a       799     1     1     2     7
  9.2735903773895079E-01 a       800     1     1     2     8
 -2.9539177143123059E+00 a       801     1     1     2     9
 -1.3889260680448097E+00 a       802     1     1     2    10
 -3.3529589934560655E-01 a       803     1     1     2    11
 -2.0842094384757576E-01 a       804     1     1     2    12
 -3.8913181835660740E+00 a       805     1     1     2    13
  1.5974583085226648E+00 a       806     1     1     2    14
 -4.8962622057060617E-01 a       807     1     1     2    15
 -9.3188440436438802E-01 a       808     1     1     2    16
 -1.7460813629613838E+00 a       809     1     1     2    17
  3.1558475391211434E+00 a       810     1     1     2    18
 -1.6426117860574576E+00 a       811     1     1     2    19
  2.8191425251822966E-01 a       812     1     1     2    20
  8.4179339916936857E-01 a       813     1     1     2    21
 -5.5076709594831041E-01 a       814     1     1     2    22
  1.9774914448401241E-02 a       815     1     1     2    23
 -1.5274111516077263E-01 a       816     1     1     2    24
 -1.5918222923611418E+00 a       817     1     2     2     1
 -5.0826432316176584E+00 a       818     1     2     2     2
  4.0228328230565313E-01 a       819     1     2     2     3
 -3.1468727430758042E-01 a       820     1     2     2     4
  2.3740302752879119E+00 a       821     1     2     2     5
  3.2086881467326506E-01 a       822     1     2     2     6
 -1.1370637345437498E+00 a       823     1     2     2     7
 -6.6210276759750930E-01 a       824     1     2     2     8
  1.4115470167203403E+00 a       825     1     2     2     9
 -2.2589624059147053E+00 a       826     1     2     2    10
 -1.0769268963159755E+00 a       827     1     2     2    11
  8.5586011705537357E-01 a       828     1     2     2    12
 -9.9797233300823973E-01 a       829     1     2     2    13
 -1.9633436982877420E-01 a       830     1     2     2    14
  1.6650161825489618E+00 a       831     1     2     2    15
  2.1997789213242011E-01 a       832     1     2     2    16
  4.1842266957762952E-01 a       833     1     2     2    17
 -4.3111051889505903E-01 a       834     1     2     2    18
  1.6696172012578311E-01 a       835     1     2     2    19
 -1.6048881111849682E+00 a       836     1     2     2    20
 -7.5644081420670406E-01 a       837     1     2     2    21
  8.8134643726481443E-01 a       838     1     2     2    22
  1.4944752248058457E+00 a       839     1     2     2    23
  6.2488936476277490E-01 a       840     1     2     2    24
  2.2731236961418015E+00 a       841     1     3     2     1
 -1.9232508976037870E+00 a       842     1     3     2     2
  1.1379281153976870E+00 a       843     1     3     2     3
 -1.6464092465815469E-01 a       844     1     3     2     4
  4.1169867020707440E-01 a       845     1     3     2     5
  5.8881950874251576E-02 a       846     1     3     2     6
  7.2764354431243461E-01 a       847     1     3     2     7
  3.5290777352870922E-01 a       848     1     3     2     8
  6.6168720699353989E-01 a       849     1     3     2     9
  3.5795287121216532E-02 a       850     1     3     2    10
  6.7424340062373345E-01 a       851     1     3     2    11
  5.7416100764154243E-01 a       852     1     3     2    12
  2.0076036908859072E+00 a       853     1     3     2    13
 -4.7403599012536074E-02 a       854     1     3     2    14
  3.3304252138106638E+00 a       855     1     3     2    15
  1.0710405005756505E+00 a       856     1     3     2    16
  5.0175767470874988E-01 a       857     1     3     2    17
 -1.1376228593475930E+00 a       858     1     3     2    18
  1.3159515379488358E+00 a       859     1     3     2    19
  1.7047675183824731E+00 a       860     1     3     2    20
 -1.2256111549840792E-01 a       861     1     3     2    21
  1.5704607875360670E+00 a       862     1     3     2    22
  2.5557598581766261E-01 a       863     1     3     2    23
  1.1250776088321830E+00 a       864     1     3     2    24
  8.6748989783978292E-01 a       865     1     4     2     1
 -2.5845643119001558E+00 a       866     1     4     2     2
 -4.5500756000196008E+00 a       867     1     4     2     3
  1.4666203643149347E+00 a       868     1     4     2     4
  3.2802339874664993E-01 a       869     1     4     2     5
 -8.5004852681691678E-01 a       870     1     4     2     6
 -4.1082911072919653E-01 a       871     1     4     2     7
  3.4840723344359165E-01 a       872     1     4     2     8
  6.2690391099148535E-01 a       873     1     4     2     9
  1.4368633679432967E+00 a       874     1     4     2    10
  1.6922870541485552E-01 a       875     1     4     2    11
 -9.5509615342327459E-01 a       876     1     4     2    12
 -1.5243303051667031E-02 a       877     1     4     2    13
 -4.4704324924836586E-02 a       878     1     4     2    14
  2.1452119231786559E+00 a       879     1     4     2    15
  9.2683752412235221E-01 a       880     1     4     2    16
 -9.6636530193486403E-01 a       881     1     4     2    17
 -1.8496143278929722E+00 a       882     1     4     2    18
 -1.4925134478605011E+00 a       883     1     4     2    19
  1.0353821927472893E+00 a       884     1     4     2    20
 -2.9258505175480992E-01 a       885     1     4     2    21
  1.4078793372429905E+00 a       886     1     4     2    22
  3.4960836769970227E-01 a       887     1     4     2    23
 -5.0343470467436224E-01 a       888     1     4     2    24
  2.9943799021864357E+00 a       889     1     5     2     1
  6.9562998938771192E-01 a       890     1     5     2     2
  2.1494187908712306E+00 a       891     1     5     2     3
  9.1674995729708986E-01 a       892     1     5     2     4
 -1.5826042369818434E+00 a       893     1     5     2     5
 -1.1745545787167968E+00 a       894     1     5     2     6
  1.2995788845015810E+00 a       895     1     5     2     7
 -3.9998225000245469E-01 a       896     1     5     2     8
  2.7644338628158187E+00 a       897     1     5     2     9
  2.1257146071010022E+00 a       898     1     5     2    10
  9.3570595363606013E-01 a       899     1     5     2    11
  2.0050316269848095E-01 a       900     1     5     2    12
  9.7973597911846177E-01 a       901     1     5     2    13
 -1.6731118292550171E+00 a       902     1     5     2    14
  2.6441868900062265E-01 a       903     1     5     2    15
  2.8383776764157536E+00 a       904     1     5     2    16
  2.4607583602426901E+00 a       905     1     5     2    17
 -4.2286036755429302E-01 a       906     1     5     2    18
  3.2295295534251465E+00 a       907     1     5     2    19
  1.7580238891444394E-01 a       908     1     5     2    20
  9.5440048775391684E-01 a       909     1     5     2    21
  3.3521978683742457E+00 a       910     1     5     2    22
  1.7876776031355033E+00 a       911     1     5     2    23
 -1.3008237831191209E+00 a       912     1     5     2    24
  3.8148162085068887E-01 a       913     1     6     2     1
  1.3459415296614139E+00 a       914     1     6     2     2
  4.9820066226857801E-01 a       915     1     6     2     3
 -6.3068891449740386E-02 a       916     1     6     2     4
 -3.3330351731317616E+00 a       917     1     6     2     5
 -2.1678145401360835E-01 a       918     1     6     2     6
  8.4870855753815566E-01 a       919     1     6     2     7
 -1.3823796202050107E+00 a       920     1     6     2     8
  2.9876003191328406E+00 a       921     1     6     2     9
 -8.9900507460841772E-01 a       922     1     6     2    10
  4.8921724847050735E-01 a       923     1     6     2    11
  1.3078246806321192E-01 a       924     1     6     2    12
 -6.6781234627129915E-01 a       925     1     6     2    13
 -2.4990793872097723E+00 a       926     1     6     2    14
  3.6477752131663141E+00 a       927     1     6     2    15
 -3.8842353955466369E-01 a       928     1     6     2    16
  2.9268189814767000E-02 a       929     1     6     2    17
  4.9124335526130009E-01 a       930     1     6     2    18
  6.6635794832628148E-01 a       931     1     6     2    19
  6.9314550688780718E-01 a       932     1     6     2    20
  1.5593813184169010E+00 a       933     1     6     2    21
 -8.7491115968387406E-02 a       934     1     6     2    22
  3.9339322021567558E-01 a       935     1     6     2    23
  7.3841846184611859E-01 a       936     1     6     2    24
  4.3722470803857727E-01 a       937     1     7     2     1
  5.1318115505739226E-01 a       938     1     7     2     2
  9.7900688141456060E-01 a       939     1     7     2     3
 -1.4324581205105713E-01 a       940     1     7     2     4
 -5.4041746193693618E-01 a       941     1     7     2     5
  2.0910768753005934E-01 a       942     1     7     2     6
  2.6880596734916545E-01 a       943     1     7     2     7
  1.0312264121591788E-01 a       944     1     7     2     8
  1.5695924539502184E+00 a       945     1     7     2     9
  1.4802396478677151E+00 a       946     1     7     2    10
  1.3131205639645414E+00 a       947     1     7     2    11
  7.2915815075085844E-01 a       948     1     7     2    12
  2.8555689669576226E-02 a       949     1     7     2    13
  4.2087307980525301E-01 a       950     1     7     2    14
  2.8573961048138004E+00 a       951     1     7     2    15
  2.2319620282832284E+00 a       952     1     7     2    16
 -4.4987301117581652E-01 a       953     1     7     2    17
  2.2584990857895815E-01 a       954     1     7     2    18
  2.1363913611957461E-01 a       955     1     7     2    19
 -1.4053270600278507E+00 a       956     1     7     2    20
  4.0734663381638703E-01 a       957     1     7     2    21
 -3.0213980676338054E-01 a       958     1     7     2    22
 -3.9473170621869252E-01 a       959     1     7     2    23
 -9.9432712073199814E-01 a       960     1     7     2    24
  2.6061073337110221E+00 a       961     1     8     2     1
 -1.6464963113185198E+00 a       962     1     8     2     2
  1.0588699694177315E+00 a       963     1     8     2     3
 -1.5755344534138684E+00 a       964     1     8     2     4
 -1.7860438383169837E+00 a       965     1     8     2     5
 -1.9651955612506424E+00 a       966     1     8     2     6
  4.2364225198595955E+00 a       967     1     8     2     7
  6.2762968383753837E-02 a       968     1     8     2     8
 -3.4001923165688503E+00 a       969     1     8     2     9
  2.8975334454774386E+00 a       970     1     8     2    10
  7.1489555118292225E-01 a       971     1     8     2    11
 -1.2552667049720538E+00 a       972     1     8     2    12
 -1.9195788133337091E-01 a       973     1     8     2    13
 -3.5607065442141406E-01 a       974     1     8     2    14
 -2.2922190236476223E+00 a       975     1     8     2    15
  1.1392855451896795E+00 a       976     1     8     2    16
  2.0021756048972734E+00 a       977     1     8     2    17
  1.9685728158199664E-01 a       978     1     8     2    18
 -1.0933186106642450E+00 a       979     1     8     2    19
  2.2572189025585017E+00 a       980     1     8     2    20
  5.5779607521379992E-01 a       981     1     8     2    21
 -2.0203858218929702E+00 a       982     1     8     2    22
 -3.1892600141593686E-01 a       983     1     8     2    23
  5.0212959931046552E-01 a       984     1     8     2    24
  6.4526164936562236E-01 a       985     1     9     2     1
  1.0234705987469874E+00 a       986     1     9     2     2
 -1.4436511931441693E+00 a       987     1     9     2     3
  8.4543242163559587E-02 a       988     1     9     2     4
  3.3934605973437032E-01 a       989     1     9     2     5
 -2.2342197047680155E+00 a       990     1     9     2     6
 -5.6276105076253469E-01 a       991     1     9     2     7
  3.0865217418131680E-01 a       992     1     9     2     8
 -3.4292281979816592E+00 a       993     1     9     2     9
  1.7504943285315639E+00 a       994     1     9     2    10
  1.0631722805843058E+00 a       995     1     9     2    11
 -1.0368722428513597E+00 a       996     1     9     2    12
  2.4369845558519070E+00 a       997     1     9     2    13
  1.5912870255661611E+00 a       998     1     9     2    14
  2.9027199802834978E+00 a       999     1     9     2    15
  2.2351493471268471E+00 a      1000     1     9     2    16
  9.4967090272270982E-01 a      1001     1     9     2    17
 -1.6641071941224765E+00 a      1002     1     9     2    18
  1.7261371478178624E+00 a      1003     1     9     2    19
  9.5089693229627159E-01 a      1004     1     9     2    20
 -5.6166359033070512E-01 a      1005     1     9     2    21
 -1.2235370162217835E-01 a      1006     1     9     2    22
 -8.8115200959557860E-01 a      1007     1     9     2    23
  5.8659921660544079E-01 a      1008     1     9     2    24
 -4.1057970048287205E+00 a      1009     1    10     2     1
 -8.8254773635719239E+00 a      1010     1    10     2     2
  9.6992556371737815E-01 a      1011     1    10     2     3
 -8.0301468174284740E-01 a      1012     1    10     2     4
  5.3505902985648612E+00 a      1013     1    10     2     5
 -2.8577811450723494E+00 a      1014     1    10     2     6
 -1.0399982603840749E+00 a      1015     1    10     2     7
  2.2644967268955267E+00 a      1016     1    10     2     8
 -6.0913329740523943E-02 a      1017     1    10     2     9
 -2.4290154937865007E+00 a      1018     1    10     2    10
 -3.8998044413229209E+00 a      1019     1    10     2    11
  1.0183281457124702E+00 a      1020     1    10     2    12
 -4.4267706405510028E+00 a      1021     1    10     2    13
  2.8693991523365865E+00 a      1022     1    10     2    14
 -4.4982859934215425E+00 a      1023     1    10     2    15
 -1.9423207717243158E+00 a      1024     1    10     2    16
  8.4523024732563723E-01 a      1025     1    10     2    17
 -6.0896694770775583E-01 a      1026     1    10     2    18
 -2.8648942239843365E+00 a      1027     1    10     2    19
 -1.0344489794270628E+00 a      1028     1    10     2    20
 -1.5345145783271741E+00 a      1029     1    10     2    21
  4.4903238972723497E-02 a      1030     1    10     2    22
  1.0562177658963361E+00 a      1031     1    10     2    23
 -1.8901594748366102E+00 a      1032     1    10     2    24
 -4.2203965897282941E-01 a      1033     1    11     2     1
 -2.9817790607017214E+00 a      1034     1    11     2     2
  4.1465800259993640E-01 a      1035     1    11     2     3
  2.2610104606855770E+00 a      1036     1    11     2     4
 -4.2961531773531592E+00 a      1037     1    11     2     5
 -2.3192943587978485E+00 a      1038     1    11     2     6
 -1.0626452129033570E-01 a      1039     1    11     2     7
  2.3348120940564779E-01 a      1040     1    11     2     8
 -4.5216438692815979E+00 a      1041     1    11     2     9
 -1.1688262380728578E-02 a      1042     1    11     2    10
  1.1776316725082125E+00 a      1043     1    11     2    11
  1.1217512853736704E+00 a      1044     1    11     2    12
  1.8190014229391431E+00 a      1045     1    11     2    13
  1.0376982184904886E+00 a      1046     1    11     2    14
 -2.3613946034756754E+00 a      1047     1    11     2    15
  4.8920041442236883E-01 a      1048     1    11     2    16
 -1.0063452807325368E+00 a      1049     1    11     2    17
  1.3701282873017178E+00 a      1050     1    11     2    18
  1.3595852623187059E+00 a      1051     1    11     2    19
 -5.6685850664291881E-01 a      1052     1    11     2    20
  2.3923331787223345E+00 a      1053     1    11     2    21
  1.6982704603195260E+00 a      1054     1    11     2    22
  1.3620669328889334E+00 a      1055     1    11     2    23
  8.3822142329661276E-01 a      1056     1    11     2    24
 -2.7839463760524896E-01 a      1057     1    12     2     1
  5.7766535697511152E+00 a      1058     1    12     2     2
 -1.9469392427334382E+00 a      1059     1    12     2     3
  6.8817803854042098E-02 a      1060     1    12     2     4
 -6.5496231062047405E-01 a      1061     1    12     2     5
  2.0631489260971758E+00 a      1062     1    12     2     6
 -1.7304518761209287E+00 a      1063     1    12     2     7
 -8.8644823925068861E-01 a      1064     1    12     2     8
  5.9031390236157677E-01 a      1065     1    12     2     9
 -2.0691361757492519E+00 a      1066     1    12     2    10
 -1.8573398387209512E+00 a      1067     1    12     2    11
 -2.1609313957287174E-01 a      1068     1    12     2    12
  6.5343742437007923E-01 a      1069     1    12     2    13
 -9.7344274202039094E-01 a      1070     1    12     2    14
  3.6964174984406928E-01 a      1071     1    12     2    15
 -2.4809437656780275E+00 a      1072     1    12     2    16
  2.1042120871860051E+00 a      1073     1    12     2    17
 -1.4539655079932901E+00 a      1074     1    12     2    18
  2.1007155081176538E+00 a      1075     1    12     2    19
 -6.6129985000626139E-03 a      1076     1    12     2    20
 -1.4095997386050447E+00 a      1077     1    12     2    21
 -7.0608695304689484E-01 a      1078     1    12     2    22
 -6.9345810218441517E-01 a      1079     1    12     2    23
  8.3503591193500204E-01 a      1080     1    12     2    24
 -1.2684771583236976E+00 a      1081     1    13     2     1
  1.0609922455199317E+00 a      1082     1    13     2     2
  2.3976239346428310E-01 a      1083     1    13     2     3
  5.7251505335925967E-01 a      1084     1    13     2     4
 -1.2248522115408482E+00 a      1085     1    13     2     5
 -5.4132259113834869E-01 a      1086     1    13     2     6
 -1.3771180315879901E+00 a      1087     1    13     2     7
 -9.8150752591693396E-02 a      1088     1    13     2     8
  3.6843141259033612E+00 a      1089     1    13     2     9
 -9.5394833439362337E-01 a      1090     1    13     2    10
  2.1754784429035074E-02 a      1091     1    13     2    11
  7.2413081840310356E-01 a      1092     1    13     2    12
  3.5410797487135126E-01 a      1093     1    13     2    13
  6.3777468486056454E-01 a      1094     1    13     2    14
  9.4248627195647450E-01 a      1095     1    13     2    15
 -9.9692352230977266E-01 a      1096     1    13     2    16
 -1.1945599847075041E+00 a      1097     1    13     2    17
  1.3031159609855372E+00 a      1098     1    13     2    18
  1.5218748209839250E+00 a      1099     1    13     2    19
 -1.8210691791398124E+00 a      1100     1    13     2    20
  5.6919524081045958E-01 a      1101     1    13     2    21
 -7.6120262327772314E-01 a      1102     1    13     2    22
 -1.5356710361081716E-01 a      1103     1    13     2    23
 -6.1498553683562196E-01 a      1104     1    13     2    24
  2.0075748305307526E+00 a      1105     1    14     2     1
  7.9757459074954018E-01 a      1106     1    14     2     2
  2.1735198230227279E+00 a      1107     1    14     2     3
 -3.7701176899121425E-01 a      1108     1    14     2     4
  8.4055684726617219E-01 a      1109     1    14     2     5
 -2.0653447672553629E+00 a      1110     1    14     2     6
  1.7651558868659967E-01 a      1111     1    14     2     7
  7.4237865005078274E-01 a      1112     1    14     2     8
  1.1295714074384393E+00 a      1113     1    14     2     9
  1.0040117798821049E+00 a      1114     1    14     2    10
  3.1723296441090720E-01 a      1115     1    14     2    11
 -1.2970603865032113E+00 a      1116     1    14     2    12
  1.2349433027095695E+00 a      1117     1    14     2    13
  2.0889568488276660E+00 a      1118     1    14     2    14
 -1.8953328407416110E+00 a      1119     1    14     2    15
  1.1777867249547975E+00 a      1120     1    14     2    16
 -1.5753596027866019E+00 a      1121     1    14     2    17
  2.6597767633455921E-01 a      1122     1    14     2    18
  1.7497643899825375E+00 a      1123     1    14     2    19
  1.0672820475279885E+00 a      1124     1    14     2    20
 -8.3470272346445828E-01 a      1125     1    14     2    21
 -3.8286006908482684E-01 a      1126     1    14     2    22
 -1.3384249318806343E-01 a      1127     1    14     2    23
 -1.0633803728231122E+00 a      1128     1    14     2    24
  3.0875522650939700E+00 a      1129     1    15     2     1
  4.6438393644750402E+00 a      1130     1    15     2     2
 -3.2059122492054570E-01 a      1131     1    15     2     3
  1.4049099467026790E-01 a      1132     1    15     2     4
 -5.5589920773275048E-01 a      1133     1    15     2     5
 -1.8893127871717903E+00 a      1134     1    15     2     6
 -4.0313261983851678E-01 a      1135     1    15     2     7
  1.3367483742778732E+00 a      1136     1    15     2     8
  2.7576079274057701E+00 a      1137     1    15     2     9
  2.8158636316230194E+00 a      1138     1    15     2    10
  6.9559841595095118E-01 a      1139     1    15     2    11
  6.5686901681751564E-01 a      1140     1    15     2    12
 -1.1141034510051176E-01 a      1141     1    15     2    13
  2.4295113619011390E+00 a      1142     1    15     2    14
 -4.6839110238573527E+00 a      1143     1    15     2    15
  1.0288676310926905E+00 a      1144     1    15     2    16
  1.7893244837843927E+00 a      1145     1    15     2    17
  4.7649996184273008E-01 a      1146     1    15     2    18
 -1.6163893381069248E+00 a      1147     1    15     2    19
  6.8729989095741029E-01 a      1148     1    15     2    20
  1.3056776510082584E+00 a      1149     1    15     2    21
 -1.3893127917038639E+00 a      1150     1    15     2    22
  7.6313847546752092E-02 a      1151     1    15     2    23
 -2.6946107539327264E+00 a      1152     1    15     2    24
 -2.5548804963924704E-01 a      1153     1    16     2     1
 -1.8393574868820379E+00 a      1154     1    16     2     2
  2.9517581244664515E-01 a      1155     1    16     2     3
  7.2685644756976142E-01 a      1156     1    16     2     4
  2.5679804949747500E+00 a      1157     1    16     2     5
 -1.0756975403947933E+00 a      1158     1    16     2     6
 -5.1809759484212292E-01 a      1159     1    16     2     7
 -9.5764305698709506E-01 a      1160     1    16     2     8
  3.6983800388857353E+00 a      1161     1    16     2     9
 -1.3081876325758726E+00 a      1162     1    16     2    10
 -5.6738270292723858E-01 a      1163     1    16     2    11
 -2.2202672988904548E+00 a      1164     1    16     2    12
  9.2917250714206134E-01 a      1165     1    16     2    13
 -3.2063737526963877E-02 a      1166     1    16     2    14
 -4.8085031070192752E+00 a      1167     1    16     2    15
 -1.1754662707183450E+00 a      1168     1    16     2    16
 -3.8616215327666481E+00 a      1169     1    16     2    17
 -1.2021720731843712E+00 a      1170     1    16     2    18
  1.8713776166915248E+00 a      1171     1    16     2    19
  7.8820566241996426E-01 a      1172     1    16     2    20
 -2.3282499556470553E+00 a      1173     1    16     2    21
  1.5715793374486320E+00 a      1174     1    16     2    22
  1.7866198996533572E-01 a      1175     1    16     2    23
 -9.2455953084062192E-01 a      1176     1    16     2    24
 -5.9118531474982772E-01 a      1177     1    17     2     1
 -6.9444831542615215E-01 a      1178     1    17     2     2
 -8.5172956941859349E-02 a      1179     1    17     2     3
 -4.9914903236209340E-01 a      1180     1    17     2     4
  8.0426363750735008E-01 a      1181     1    17     2     5
  1.2442110533948934E+00 a      1182     1    17     2     6
  1.6435402065397692E-01 a      1183     1    17     2     7
  6.1499378264968740E-01 a      1184     1    17     2     8
 -3.5353725568070051E+00 a      1185     1    17     2     9
  1.3686040489652471E+00 a      1186     1    17     2    10
  2.1851105485260134E+00 a      1187     1    17     2    11
  4.4466418770751170E-01 a      1188     1    17     2    12
 -1.8431339119041965E+00 a      1189     1    17     2    13
 -2.6115522027446880E-01 a      1190     1    17     2    14
 -1.1224510503874927E+00 a      1191     1    17     2    15
  9.7257805273769260E-01 a      1192     1    17     2    16
 -1.3804548067990146E+00 a      1193     1    17     2    17
  5.2839242794981367E-01 a      1194     1    17     2    18
 -2.0847002559042789E+00 a      1195     1    17     2    19
  3.4348117330192396E-01 a      1196     1    17     2    20
  1.5334859749301351E+00 a      1197     1    17     2    21
 -1.3679919838407845E-01 a      1198     1    17     2    22
 -9.7036503779140582E-01 a      1199     1    17     2    23
 -4.7539107979100126E-01 a      1200     1    17     2    24
  3.3226116845284648E-01 a      1201     1    18     2     1
  2.9869924571406150E+00 a      1202     1    18     2     2
  5.6385896892987086E-01 a      1203     1    18     2     3
  1.2488399709739861E-01 a      1204     1    18     2     4
 -3.1329816694977239E+00 a      1205     1    18     2     5
  1.6814400881444169E+00 a      1206     1    18     2     6
  2.2432949966467680E-01 a      1207     1    18     2     7
 -1.4172808760960409E+00 a      1208     1    18     2     8
 -1.2380472642317275E-01 a      1209     1    18     2     9
 -1.0333751654584711E+00 a      1210     1    18     2    10
  4.0035622502776697E-01 a      1211     1    18     2    11
 -3.8276672497776060E-01 a      1212     1    18     2    12
  1.1870635801273025E-02 a      1213     1    18     2    13
 -2.1625468422561336E+00 a      1214     1    18     2    14
  3.0369801625795962E+00 a      1215     1    18     2    15
 -9.5734668562624543E-03 a      1216     1    18     2    16
  8.6551933331938524E-01 a      1217     1    18     2    17
  1.4341412890343996E+00 a      1218     1    18     2    18
  1.1060131919158214E+00 a      1219     1    18     2    19
  8.2147882002918293E-01 a      1220     1    18     2    20
  5.5278742302719786E-02 a      1221     1    18     2    21
 -4.1932890924767902E-01 a      1222     1    18     2    22
 -1.1265094505433892E+00 a      1223     1    18     2    23
  1.4453785386008891E+00 a      1224     1    18     2    24
  2.4347900927480288E+00 a      1225     1    19     2     1
 -6.7457763992898578E-01 a      1226     1    19     2     2
 -3.5897419837933295E+00 a      1227     1    19     2     3
  1.4446334233163374E+00 a      1228     1    19     2     4
  3.4271248779294761E-01 a      1229     1    19     2     5
  1.1219686053093605E+00 a      1230     1    19     2     6
 -2.9039835839921641E-01 a      1231     1    19     2     7
  4.7609565599533071E-01 a      1232     1    19     2     8
 -2.3453152296926044E-02 a      1233     1    19     2     9
  6.1287962756803560E-01 a      1234     1    19     2    10
 -1.3175157603288954E+00 a      1235     1    19     2    11
 -9.8915156240500735E-02 a      1236     1    19     2    12
 -1.3209696049087321E+00 a      1237     1    19     2    13
 -3.5027280416352147E-01 a      1238     1    19     2    14
 -1.2650827895313770E+00 a      1239     1    19     2    15
 -5.5354136296958800E-01 a      1240     1    19     2    16
  2.5518367813576646E+00 a      1241     1    19     2    17
 -9.2158327956502439E-01 a      1242     1    19     2    18
 -3.4427944659606191E-01 a      1243     1    19     2    19
  1.0243469904140370E+00 a      1244     1    19     2    20
 -7.7214097495351441E-01 a      1245     1    19     2    21
 -5.4285187889949116E-01 a      1246     1    19     2    22
 -1.6315040110435455E+00 a      1247     1    19     2    23
 -2.0607132882952187E-01 a      1248     1    19     2    24
 -1.1387187529312661E+00 a      1249     1    20     2     1
  3.2708971997358476E+00 a      1250     1    20     2     2
 -8.3869370841612403E-02 a      1251     1    20     2     3
  7.3657791607731615E-01 a      1252     1    20     2     4
  1.5318420078487103E+00 a      1253     1    20     2     5
  3.4736512076172721E-01 a      1254     1    20     2     6
 -5.3570382180149911E-01 a      1255     1    20     2     7
 -1.1414393389017310E+00 a      1256     1    20     2     8
  2.6756327815946723E-01 a      1257     1    20     2     9
  3.0787225726139128E-01 a      1258     1    20     2    10
 -7.5115179319391756E-01 a      1259     1    20     2    11
 -1.4865585120924285E+00 a      1260     1    20     2    12
 -9.8222572465829394E-01 a      1261     1    20     2    13
 -1.7913691697332594E+00 a      1262     1    20     2    14
 -3.1204404206465042E+00 a      1263     1    20     2    15
 -1.7615284387808843E+00 a      1264     1    20     2    16
 -1.0424589491081433E+00 a      1265     1    20     2    17
  9.9585275098348991E-01 a      1266     1    20     2    18
 -8.4236376963080628E-01 a      1267     1    20     2    19
 -8.7426575677574392E-01 a      1268     1    20     2    20
 -9.4140283960010240E-01 a      1269     1    20     2    21
  4.0750614381625577E-01 a      1270     1    20     2    22
  9.6250612938163504E-01 a      1271     1    20     2    23
 -1.1127433929756785E+00 a      1272     1    20     2    24
  1.6961341123458054E-01 a      1273     1    21     2     1
  8.0803940760589532E-01 a      1274     1    21     2     2
 -1.8896729883334082E+00 a      1275     1    21     2     3
 -1.5577434900189502E+00 a      1276     1    21     2     4
  1.8224497709456200E+00 a      1277     1    21     2     5
  5.4218441477057722E+00 a      1278     1    21     2     6
 -8.9985399354715878E-01 a      1279     1    21     2     7
 -1.3460592138890652E+00 a      1280     1    21     2     8
 -3.2324403489126912E+00 a      1281     1    21     2     9
 -1.9885843783752227E-01 a      1282     1    21     2    10
  3.0500596169870398E-01 a      1283     1    21     2    11
 -3.7917355771776906E-01 a      1284     1    21     2    12
 -2.0055125034343733E+00 a      1285     1    21     2    13
 -1.3962435538343470E-03 a      1286     1    21     2    14
 -1.1558884572379279E-01 a      1287     1    21     2    15
 -2.3402382545708889E-01 a      1288     1    21     2    16
  1.7905580627147569E-01 a      1289     1    21     2    17
  1.7303201007189933E-01 a      1290     1    21     2    18
 -3.8659931001802145E-01 a      1291     1    21     2    19
  2.3128781846629156E+00 a      1292     1    21     2    20
 -3.3778413062864143E-01 a      1293     1    21     2    21
 -2.3967276141894001E+00 a      1294     1    21     2    22
 -2.7165545773167965E+00 a      1295     1    21     2    23
 -8.9560861897277716E-02 a      1296     1    21     2    24
 -2.7808593106244053E+00 a      1297     1    22     2     1
  2.5348669422783865E+00 a      1298     1    22     2     2
  1.8046950977207263E+00 a      1299     1    22     2     3
 -5.1420279155466853E-01 a      1300     1    22     2     4
 -1.3048198078193345E+00 a      1301     1    22     2     5
 -2.2405356729337340E+00 a      1302     1    22     2     6
 -1.0360670938531811E+00 a      1303     1    22     2     7
  7.6991659589089845E-01 a      1304     1    22     2     8
 -2.1906973694278391E+00 a      1305     1    22     2     9
 -2.3341553738948142E+00 a      1306     1    22     2    10
 -1.3433328202171074E-01 a      1307     1    22     2    11
 -1.6499483436101045E-01 a      1308     1    22     2    12
 -1.8253163672449453E+00 a      1309     1    22     2    13
  5.6055113318242344E-01 a      1310     1    22     2    14
  4.1278809349686707E-01 a      1311     1    22     2    15
  2.5085106094960813E-01 a      1312     1    22     2    16
 -1.4029848499645494E+00 a      1313     1    22     2    17
  3.5893858076754159E-01 a      1314     1    22     2    18
  1.5483280866438425E+00 a      1315     1    22     2    19
  2.3292578324011060E-01 a      1316     1    22     2    20
  1.2075863185742401E+00 a      1317     1    22     2    21
 -9.1396392098781243E-01 a      1318     1    22     2    22
  3.8584220007302239E-01 a      1319     1    22     2    23
  1.0989550952687406E+00 a      1320     1    22     2    24
  1.9218731983184123E+00 a      1321     1    23     2     1
  1.0646226021884642E+00 a      1322     1    23     2     2
  3.0389670223508608E-01 a      1323     1    23     2     3
 -7.2088069373285923E-01 a      1324     1    23     2     4
  1.2876591518450815E+00 a      1325     1    23     2     5
  8.6407609904514626E-01 a      1326     1    23     2     6
  2.2827511220012018E+00 a      1327     1    23     2     7
  3.8948153634294269E-01 a      1328     1    23     2     8
  9.3720960844723900E-01 a      1329     1    23     2     9
  6.3470574039214889E-01 a      1330     1    23     2    10
  5.2437727152460689E-01 a      1331     1    23     2    11
 -6.9781897966499626E-02 a      1332     1    23     2    12
  5.2462453146455923E-01 a      1333     1    23     2    13
 -1.3526073395521077E+00 a      1334     1    23     2    14
 -1.5389781874883217E+00 a      1335     1    23     2    15
 -2.0213751782466011E-01 a      1336     1    23     2    16
 -9.9565562327254353E-01 a      1337     1    23     2    17
  1.6459526497333878E+00 a      1338     1    23     2    18
 -1.1454317966237277E+00 a      1339     1    23     2    19
 -5.4608471172838624E-01 a      1340     1    23     2    20
  2.2134141310987499E-02 a      1341     1    23     2    21
 -8.2282500279092974E-01 a      1342     1    23     2    22
 -4.7322946383140069E-01 a      1343     1    23     2    23
  2.0283604502524613E+00 a      1344     1    23     2    24
 -4.1691235736481513E-01 a      1345     1    24     2     1
  2.3986679091059851E-01 a      1346     1    24     2     2
 -2.7989806187821160E-02 a      1347     1    24     2     3
  3.8611296749960128E-01 a      1348     1    24     2     4
  5.7380628971586878E-01 a      1349     1    24     2     5
  7.9413235252568226E-01 a      1350     1    24     2     6
  1.4164507729580292E-01 a      1351     1    24     2     7
 -1.6729774140173115E-01 a      1352     1    24     2     8
  5.0578377340579617E-01 a      1353     1    24     2     9
 -2.1704088592041999E+00 a      1354     1    24     2    10
  1.9544052056804087E-01 a      1355     1    24     2    11
  2.7380522200002527E-01 a      1356     1    24     2    12
 -3.6144691780802451E-01 a      1357     1    24     2    13
 -1.3682097687904144E+00 a      1358     1    24     2    14
  5.5371129824255161E-01 a      1359     1    24     2    15
 -4.2640651009099351E-01 a      1360     1    24     2    16
 -4.4495713434249434E-02 a      1361     1    24     2    17
  2.3627677828509361E-01 a      1362     1    24     2    18
 -6.2915915096239550E-01 a      1363     1    24     2    19
 -1.1898283160383025E+00 a      1364     1    24     2    20
  1.9461354143549107E-02 a      1365     1    24     2    21
  1.0249221504693842E+00 a      1366     1    24     2    22
  8.7040623816486773E-01 a      1367     1    24     2    23
 -2.3841377352449364E-01 a      1368     1    24     2    24
  2.2128481242737448E+00 b      1369     2     1
  1.1502444713893825E+00 b      1370     2     2
 -2.3661201883703438E+00 b      1371     2     3
 -1.7705364676587554E+00 b      1372     2     4
 -1.2992260414149487E-01 b      1373     2     5
  1.3047417049245718E+00 b      1374     2     6
 -1.3842197901689730E+00 b      1375     2     7
  1.0655678139207927E+00 b      1376     2     8
  5.8019606610771488E+00 b      1377     2     9
 -9.1400835808517888E-01 b      1378     2    10
 -2.5796827298836273E+00 b      1379     2    11
  2.5384913620920777E+00 b      1380     2    12
  9.3054044454982989E+00 b      1381     2    13
  1.8296629563438287E+00 b      1382     2    14
  9.7983062918254067E+00 b      1383     2    15
 -4.8487718709628130E-01 b      1384     2    16
  2.5606295951423403E+00 b      1385     2    17
 -4.2890988070445992E+00 b      1386     2    18
 -2.3274573962257707E+00 b      1387     2    19
 -2.1669441316546969E+00 b      1388     2    20
 -1.3635794115897162E+00 b      1389     2    21
 -1.8471510873393697E+00 b      1390     2    22
  7.8505359093173155E-01 b      1391     2    23
  1.4380515884235403E+00 b      1392     2    24
  5.7045716920491019E-01 a      1393     2     1     3     1
  1.4289399438435793E-01 a      1394     2     2     3     1
 -3.2474610405331616E-01 a      1395     2     3     3     1
  8.3797518429972351E-01 a      1396     2     4     3     1
  2.2684555202467493E-01 a      1397     2     5     3     1
 -6.9736355299848307E-01 a      1398     2     6     3     1
 -2.9189715870172600E-01 a      1399     2     7     3     1
 -8.6894525775877196E-01 a      1400     2     8     3     1
 -1.6597792309715528E-01 a      1401     2     9     3     1
  6.0671752168826809E-01 a      1402     2    10     3     1
  6.4957008874204725E-01 a      1403     2    11     3     1
  4.2853502105965313E-01 a      1404     2    12     3     1
 -5.7346124217593697E-01 a      1405     2    13     3     1
  7.4189327514828429E-01 a      1406     2    14     3     1
  3.0536176196530052E-01 a      1407     2    15     3     1
 -4.3162973725350795E-01 a      1408     2    16     3     1
 -2.1531215319393104E-01 a      1409     2    17     3     1
  5.9600626442831328E-01 a      1410     2    18     3     1
  1.9347879312783436E-01 a      1411     2    19     3     1
 -2.7131760574176889E-01 a      1412     2    20     3     1
 -8.8398066092504668E-01 a      1413     2    21     3     1
 -9.9981366524287119E-01 a      1414     2    22     3     1
  5.0837967850512422E-01 a      1415     2    23     3     1
  3.4146773815221215E-01 a      1416     2    24     3     1
  8.8133989033571891E-02 b      1417     3     1
