     -0.3950336048
      0.3646627025
      0.8043557170
     -0.2993686353
      0.4959696012
      0.9111956860
      0.0392891406
     -0.0265231154
      0.0558532618
     -0.2686614355
      1.0711420587
     -1.7189364798
     -0.4833640951
     -0.3272841431
     -0.2166450973
     -0.0498551677
     -0.8538145410
      0.8469000721
      0.2464837720
     -0.1197219465
      0.5377104800
      0.9236027758
      0.2291759200
      0.1410948235
     -0.3880656654
     -0.3278839565
      0.4540943770
     -0.1549363844
     -0.0090998748
      0.4386754446
      0.3250636100
      0.3247488654
     -0.2653207842
      0.2448224503
      0.7770067880
     -1.4165691660
     -0.2282394485
      0.1230059997
      0.2846119424
     -0.0988219128
     -0.5191061179
     -0.0590946099
     -0.0880704523
      1.0418137418
     -0.3895575932
      0.2703109267
      0.7779400740
     -0.0007140627
      0.7307359448
      0.0563083811
     -0.4635496803
     -0.0421061288
      0.8783081562
      0.2957939039
      1.2796507651
      0.1651481440
      0.1367904847
      0.4478943328
     -1.1828713787
      0.4363131701
     -0.1254825043
     -0.0741710501
     -0.3999007432
     -0.0829689562
      0.3773575387
      0.5427327668
      0.3861400421
      1.0579637039
      0.3568322146
     -0.7620727983
      0.2914047681
     -0.6514569340
     -1.4608809961
     -0.2575707201
      0.0589797776
      0.0707562144
     -1.3773431648
     -0.2300166546
      0.0020785767
     -0.1213226761
     -0.1013195929
     -0.0156812263
      1.3180168494
     -0.8227079273
     -0.3625449572
     -0.6624768877
     -0.7452352393
      0.4740718652
      0.4603268708
      0.2991117837
     -0.1365194374
      0.1431303928
      0.4948198884
     -0.6917703513
      0.3642605772
     -0.4305408136
      2.6351248559
      0.0284657764
      1.1169058134
     -0.6634357755
      1.7700755649
      1.2037534097
     -0.2833040184
     -0.2472482452
      0.2275314243
     -0.5803318668
     -1.5505863116
      1.8495494342
     -0.0224132434
     -0.2410757217
      0.1575569764
      0.3130879236
     -1.1526256510
      0.4014293681
      0.1932294201
     -0.1933526078
      0.2410223818
      0.8724533421
     -1.1370741742
      0.1570087465
      3.0103525997
     -0.0464679376
     -0.0197631004
      0.2988354515
      1.0555751508
      1.5336838041
      0.1483028083
     -0.0663032122
     -0.2637456758
      0.2356896142
     -0.9554268510
      0.1058290563
      0.1727856746
      0.2314887896
      0.0929187587
     -0.1251012029
     -0.7595427616
      0.2432931472
     -0.0220126763
      0.0848224968
     -0.0469122338
      0.1002147543
      0.2009402604
      0.2206518977
     -1.0098102093
      0.1201847857
     -0.0375760752
      0.2133370401
     -0.3342911046
     -0.0302689313
     -0.0453569915
     -0.1312014084
     -0.2428347358
     -0.1624652154
      0.1930364828
     -0.4759818331
     -0.6334458335
      0.1856581813
     -0.0028423419
      0.6505728287
      0.6090061665
      0.0658566596
     -0.0067256104
     -0.1364323608
      0.8196346652
      0.3490204498
     -0.4496893359
      0.0245288863
      2.1879707751
     -0.3230114534
      0.2933654087
      0.3594832401
      2.8728148800
      0.5496585114
      0.6525691204
     -0.1164203641
      0.1347086291
     -0.1467350910
     -2.9789472559
      3.1968133829
     -0.1996532148
      0.5634231132
      0.2249351921
      0.3360050830
      0.0820013292
      0.0277482664
     -0.2751401640
      0.1998993483
      0.0395703531
      0.0036089712
     -0.2596554901
      0.4776590270
     -0.0670768101
      0.4810866966
      0.1920961138
     -0.0716796126
     -0.2420996073
      0.0336036032
      0.0844227618
     -0.1822398161
     -0.0921891969
     -0.0112842407
      0.0776999954
      0.2758006605
      0.0366873837
     -0.1970490680
     -0.1587007962
      0.0373007818
      0.0857676055
      0.2023784255
     -0.0917967849
     -0.0372148897
      0.0897861425
      0.1699561346
      0.2178587237
      0.0031702204
      0.1730860189
     -0.2533007773
      0.3614648694
     -0.3474719285
      0.0087959800
      0.3958080399
      0.3855308060
      0.2027053732
     -0.3301904298
     -0.4117794477
     -0.2761533636
     -0.2286914816
      0.4252232432
      0.1888947388
     -0.2869302027
      0.1174034023
      0.2403130678
      0.2525923697
     -0.3140868072
     -0.7360601608
     -0.4846459003
      0.0746814073
      0.3362201998
      0.1736741683
      0.5699109439
      0.1750706555
      0.1890946779
      0.2099607770
     -0.3499516992
      0.2749641208
      0.2521999822
      0.2695519964
      0.0747188483
     -0.0670825303
      0.0207556886
      0.1064240412
      0.0666537829
     -0.5005766425
     -0.2301478743
     -0.0903027208
      0.2227326091
     -0.1765949855
      0.2752212383
      0.2455663840
     -0.4247491381
     -0.0627421704
     -0.0558243906
      0.2125781411
     -0.3152538381
      0.0107577174
     -0.0043406134
      0.3075244291
      0.6143668367
      0.4723287567
      0.2347212436
      0.1349320374
      0.1125335597
     -0.3637284418
      0.3323238099
     -0.7858707697
      0.0106253808
      0.1449613126
     -0.2481198334
      0.0991380924
     -0.2033522885
      0.3696279890
      0.3156432394
     -0.1285998283
      0.1790622163
      0.2484268799
      0.4201614644
     -0.4821471152
     -0.0340469963
     -0.0872649681
     -0.3572224628
     -0.2631641323
      0.1684880150
     -0.0909903520
      0.1841072817
     -0.1207684968
      0.1048031378
     -0.1053727079
     -0.0555392520
     -0.1147015110
      0.0222146345
      0.5723740135
     -0.3175829925
      0.6343574111
     -0.0569736431
     -0.0441169968
      0.0845938528
     -0.1856057873
      0.2924222316
     -0.3155863381
      0.3120805244
      0.1224159046
      0.0890406384
      0.1120607510
      0.2108519344
     -0.3213653297
      1.1348125254
     -0.5065141150
      0.2833461132
     -0.1094125392
      0.0372637279
      0.2068813966
      0.1636618000
     -0.5037369198
     -0.3119976200
      0.2004304997
     -0.8495478292
      0.0472733338
     -0.3935534374
     -0.2823207935
      0.0999015856
      0.7105316683
      0.2188731633
      0.0720124346
      0.0537989925
      0.2239633224
     -0.9869786395
      0.0048462912
     -0.0094096967
     -0.3624776746
      0.1775127754
     -0.8412536284
      0.1300109504
     -0.4294367993
     -0.1071215241
     -0.0831980159
     -0.1694557504
     -0.3034612479
      0.2766346099
      0.4593617281
      0.0286280820
      0.0595211548
     -0.4075899910
     -0.4797497088
     -0.2846828963
      0.2946793021
      0.2945254971
     -0.0437606901
     -0.1271750582
      0.3371825296
     -0.2211837893
     -0.2195607884
      0.3084964657
      0.0529539808
      0.5667389170
     -0.0241822963
     -0.1743694407
     -0.2813748779
     -0.3091819248
      0.2152565548
      0.4414301112
     -0.5101622271
      0.6454133450
      0.6256571791
     -0.3879382109
      0.3300382982
     -0.2625249904
     -0.0596939251
      0.2128669122
     -0.3075501207
     -0.4735505473
     -0.3017312260
      0.5665025667
      0.1695560378
     -0.5924246234
     -0.2119244272
     -0.2258360015
     -0.7278431038
     -0.0394716313
     -0.0413244081
      0.2528898571
     -0.2408826453
     -0.1427685151
     -0.2970789810
     -0.3600626498
      0.0330890253
     -0.0350883672
     -0.3687145236
      0.7415285641
     -0.2918771538
      0.0724889208
      0.4510352993
      0.0724641543
      0.0722190388
      0.2554459195
      0.1885274797
      0.0621906135
     -0.2421870660
     -0.3901271586
      0.3606286646
     -0.4484190481
     -0.0177154657
     -0.0993917738
     -0.1810791392
      0.1687378816
     -0.1755506463
     -0.2813613990
      0.5246669340
     -0.4073157621
      0.5410352412
      0.2971148265
     -0.1248311244
     -0.1031967890
      0.0072886770
      0.1089329130
     -0.3766516040
      0.1633420980
      0.0278834690
      0.4035675653
     -0.0130991502
     -0.0152585686
     -0.0123027815
     -0.2521866554
     -0.0624419176
      0.2037786646
      0.1517630743
     -0.0845734276
     -0.0280107917
     -0.4875141306
     -0.4562411944
     -0.3252037005
      0.3877864642
     -0.1262810233
      0.1987018425
     -0.1911651730
     -0.5519224442
      0.0291189501
     -0.3122038042
      0.2957108134
      0.2137980667
      0.4128355780
      0.0764624104
      0.1788187930
     -0.0187871065
     -0.1197813750
     -0.3993070524
     -0.4431397812
     -0.2808267497
      0.0499125070
      0.6189424174
      0.0657220789
      0.2119078268
      0.2222116925
      0.0726989434
     -0.2394822537
     -0.3052679404
     -0.0083413123
      0.2084444578
      0.3231068958
     -0.1747344631
      0.3525130318
     -0.6603495585
      0.4426768312
      0.1675681272
     -0.0369262207
     -0.2947834900
     -0.5262199556
     -0.0078102126
     -0.0578439970
      0.0809187091
     -0.3318794882
     -0.1355033190
     -0.1176069279
     -0.0480462037
     -0.3016114103
      0.0817370045
     -0.1321012893
     -0.0771621757
     -0.2970159567
     -0.0880300507
     -0.0371221611
      0.4412565597
      0.2193164434
     -0.3756697239
     -0.0645872568
     -0.0348088988
     -0.2084204866
      0.2986344016
     -0.1164783689
      0.0017689072
      0.3074823709
      0.3093519003
     -0.1012213876
      0.2832359005
      0.2068356765
     -0.0736234836
      0.0917281916
      0.1136583220
     -0.2006231814
     -0.1585623179
     -0.4710825346
      0.0102482845
      0.0657750580
     -0.1550232955
     -0.0112088268
     -0.0067544257
      0.0300097434
     -0.0941652293
     -0.2202458671
     -0.3431900011
     -0.2611656277
     -0.1803600707
      0.2686136055
      0.1052696826
     -0.1119120554
      0.1033232157
     -0.0618271852
      0.1331847488
      0.0332003553
     -0.2966710673
      0.0145779409
      0.2748121933
      0.0745700566
     -0.2026137896
     -0.2757858793
     -0.2115773786
      0.0804404230
      0.0077065962
      0.0741467514
      0.0048282649
      0.1367345524
      0.1679079938
      0.0056717092
     -0.3674417422
      0.3136899153
      0.3351868102
     -0.0418108717
      0.1556836246
      0.0861507316
     -0.3843476076
      0.4851739350
      0.1426858222
      0.1213748513
     -0.0879947676
     -0.3226524565
      0.0346459169
      0.4976259494
     -0.0884493286
      0.3969782618
     -0.0860911754
      0.1878887867
     -0.0118162612
      0.6654677757
      0.0460687995
     -0.0399505897
      0.4923537057
      0.2274446469
     -0.0490314671
      0.3755701032
      0.4255931290
     -0.3194398435
      0.1280511578
     -0.1636785774
     -0.0206915335
     -0.1724083330
     -0.0873289442
     -0.1487157825
      0.2770504418
      0.2711046993
      0.2798496023
      0.0680253513
     -0.0955479399
      0.0526709269
     -0.2385345488
     -0.4036943966
      0.0109435214
     -0.1030789637
     -0.1337062983
     -0.4725836528
      0.0338704383
     -0.6301049253
     -0.3424008530
      0.3677304451
      0.4281811270
     -0.0367796918
     -0.2059754040
      0.5613067404
     -0.0783057618
      0.1334248395
     -0.0856655644
      0.4825923348
     -0.1359492227
      0.0327845054
      0.0273896432
      0.0906265360
      0.3205035308
      0.3235885381
      0.3010447662
     -0.0073825672
     -0.4323604686
      0.5383696013
     -0.2391735299
      0.3359240397
      0.1932420841
      0.4999401395
      0.0145196718
     -0.3958167239
      0.2008467056
     -0.1976702386
      0.1142462841
     -0.1516755507
      0.1151379664
     -0.3272570372
     -0.3152635118
      0.3124187904
     -0.4124324736
     -0.0881278579
     -0.1128845221
     -0.3756797569
      0.0484065931
      0.1457628991
      0.6572774650
      0.0734931202
     -0.3246928981
     -0.5522231219
     -0.2558012893
     -0.5885810495
      0.1813928341
     -0.3068436185
      0.2970978831
     -0.1271528837
     -0.2046671374
      0.3456556229
     -0.2308967229
     -0.1203716678
     -0.3181515970
     -0.1386145536
     -0.3442990500
      0.3482058729
     -0.0907192551
     -0.1867280304
     -0.3038397174
      0.0833239514
     -0.0488236183
     -0.2996975186
     -0.0066307638
     -0.3585672192
     -0.1957603271
      0.0110167448
     -0.1934977417
      0.3163355244
      0.5521028256
      0.8077613854
     -0.4561655504
     -0.1467352791
     -0.9820215068
     -0.1064556841
      0.4440826417
      0.2155688204
     -0.5766465853
     -0.1853639636
     -0.2974071014
      0.3159566496
     -0.4184108902
      0.4041851551
     -0.0995699715
      0.0398054910
     -0.3568609763
     -0.0150275169
      0.0239707952
      0.1880534943
      0.2510063552
      0.0877248671
      0.1070971009
     -0.0985130391
      0.4620578305
      0.0022211584
      0.1545511484
      0.3293564548
      0.2652268456
     -0.1510866947
     -0.1315015603
      0.1630031966
     -0.4758374458
     -0.0706178095
     -0.0248120853
     -0.0098647232
     -0.5513407064
     -0.5050672038
     -0.1684276962
     -0.4878795319
      0.3207500833
     -0.1021331833
     -0.5613505192
      0.1449840133
     -0.2003605177
      0.0777966535
      0.2986571454
     -0.1717458092
      0.0005902316
      0.2106624210
     -0.0460542940
     -0.1898173745
      0.1610610787
      0.4396578019
     -0.3683818126
      0.5399326877
      0.2327165065
      0.2387156855
     -0.1350777927
     -0.2176520093
     -0.1239226503
     -0.1335238431
     -0.2826451172
     -0.1840030462
      0.2083564748
     -0.2519468467
      0.0285106007
      0.1021025665
      0.1368425649
     -0.2328145264
      0.1801322970
      0.1018214634
      0.2850107338
      0.2055221751
     -0.1126065691
     -0.2100242056
      0.1718122229
     -0.2269969929
     -0.1175373412
     -0.1546842533
     -0.2051753274
     -0.1357129091
     -0.2125813861
      0.0795200843
     -0.3228021260
      0.2009006997
     -0.1785456175
     -0.0551036670
      0.0729932959
      0.1848640430
     -0.0949581453
     -0.0127385847
      0.1786684607
      0.1098768817
      0.0788112147
     -0.2851849890
     -0.0899415655
     -0.0991594019
     -0.2563801567
      0.1666204683
     -0.1855294411
      0.0929162430
     -0.0555357206
     -0.2187583034
      0.2373929706
      0.1397096418
     -0.1833349603
      0.0447053742
     -0.0392195975
      0.1062454851
     -0.1457507942
      0.1747861069
     -0.1879627225
      0.0201357744
     -0.0981941678
      0.2543831024
      0.0646884077
      0.0896500033
      0.2482427573
     -0.2319251428
      0.0795068827
     -0.0446306027
      0.2096939261
     -0.3193637263
     -0.2695101010
      0.2696517984
      0.1598090910
      0.3059337479
     -0.1680566851
     -0.2313736441
     -0.2355488328
     -0.3204818962
     -0.2014028141
      0.0759560223
     -0.2155867888
      0.0322308424
     -0.1275029625
      0.1585925696
      0.3101349674
     -0.0658521057
     -0.0395335163
     -0.0496374270
     -0.2740796778
      0.1135448806
      0.4026000278
      0.2273493797
      0.1354346803
     -0.2832850544
      0.0779139207
      0.1549151210
      0.2027674539
      0.3088584652
      0.0385667316
     -0.3168948786
      0.0144169713
     -0.5138318537
     -0.1928202455
     -0.3057853476
     -0.0433224367
     -0.0800106836
     -0.2273780975
     -0.0656640408
     -0.1612723930
      0.2173066018
     -0.1551461188
      0.4998340995
     -0.6040948961
      0.0268382511
     -0.2710519528
      0.2729606425
     -0.2557516923
     -0.0877218913
      0.2932617291
     -0.0626720964
      0.2307100167
     -0.1209171581
     -0.1184729360
      0.2431700974
     -0.3164368825
     -0.1635457426
      0.0950061957
      0.0508182937
     -0.1688714558
      0.0168423218
      0.2106502371
      0.0825603426
      0.2541553886
      0.0288956122
      0.1679354612
      0.4998989397
     -0.1811945739
      0.0513599518
     -0.0085490467
     -0.2106973026
      0.1357944365
     -0.2284102961
     -0.1611504682
     -0.2278705181
     -0.2190754369
      0.1017306630
      0.0141372388
     -0.2847089492
     -0.3148628356
     -0.2514160227
      0.1979963042
      0.2287880713
     -0.2533406287
     -0.2002073025
     -0.2605916607
     -0.2209699798
     -0.1137906001
      0.0650695138
      0.0978838760
      0.1847596045
      0.1201591981
     -0.1604567295
      0.1894585370
      0.2654347563
      0.2373644434
     -0.0532231316
      0.2392676232
      0.1941673124
      0.3565912030
     -0.1658458742
      0.1026132546
     -0.1263872091
      0.0149627460
     -0.0974006384
     -0.1696618135
      0.2298255727
      0.0710331294
     -0.0699625566
     -0.0350733461
     -0.0895549511
     -0.1594699071
      0.1755224163
     -0.1125122250
     -0.4684905928
     -0.0979570855
      0.3384158778
     -0.0122381433
      0.0913022154
     -0.2306021432
      0.2225621329
      0.3186929928
     -0.0498152540
     -0.3936808772
     -0.1220051209
     -0.0686512677
     -0.3774905466
      0.4606383654
     -0.1580146174
     -0.2854949895
     -0.0096094919
      0.0317689819
      0.0170424994
     -0.1849503015
     -0.1616073658
      0.2741895012
     -0.0940248399
      0.0602977489
      0.6098660681
     -0.5709583885
     -0.1380202642
     -0.2320357240
     -0.2228781065
      0.2766978625
     -0.1968898679
     -0.0434668095
     -0.0640890399
     -0.1381668857
     -0.3082482936
     -0.3110028044
     -0.4068818746
     -0.1319826005
      0.2580552256
     -0.2631691450
     -0.0548567778
     -0.1233525692
     -0.1704596804
     -0.0400158968
     -0.0645684530
     -0.2605657904
      0.2453135293
     -0.1324341232
     -0.1722224937
      0.0993081898
     -0.2468739508
     -0.2556666317
      0.0631188406
     -0.2209823407
      0.0195800682
      0.1562669076
     -0.0396382783
      0.3449811998
      0.0783773070
      0.2016924651
      0.5337383359
      0.1792263585
     -0.2232693320
      0.2445380416
     -0.1630449603
      0.0451465699
     -0.3183354778
     -0.5342938782
     -0.3189096880
     -0.1163124998
      0.1468256503
     -0.2444837538
      0.0079787013
     -0.2922578934
      0.1092100034
     -0.1330970204
     -0.0684243298
     -0.0551639705
      0.1277069861
     -0.1121106474
     -0.1908571917
     -0.0436339358
      0.1241591703
      0.0851595081
      0.3709645984
     -0.0780928120
      0.0905230536
     -0.2450228573
      0.2001689864
     -0.2657317432
     -0.4992697384
     -0.4854622655
      0.3350730021
     -0.0635416237
     -0.2238533123
     -0.0198651415
     -0.0610897467
     -0.3818351484
     -0.0622227036
     -0.2991201467
     -0.0833744787
     -0.0976276332
     -0.2512297695
     -0.0782928082
     -0.0771401117
     -0.0140367042
      0.2302595908
      0.0376962132
     -0.0313202161
     -0.0805875136
      0.1188793208
      0.0632699070
     -0.2021023434
      0.1886557845
     -0.1130005501
     -0.1204477836
     -0.0591715196
     -0.1884282849
     -0.0012639814
     -0.3033958874
      0.2651048938
      0.2903953555
      0.1340191919
     -0.1597421759
     -0.0155212380
     -0.2167230617
     -0.0929670246
     -0.1862185442
     -0.0180665826
      0.1521009450
     -0.1362801823
     -0.4011422067
      0.2671550063
      0.2788365369
      0.4808752167
      0.0438811198
      0.0398301107
      0.0862384307
     -0.6021246581
      0.0368019622
     -0.4771991933
      0.0573108513
      0.2404751127
      0.1393432783
     -0.2397969315
      1.0033114460
     -0.1352969523
     -0.5582654600
     -0.2064919179
      0.0305902864
      0.4233193324
      0.0907186821
     -0.2976533504
      0.3148751653
     -0.2568868309
      0.0240787291
     -0.7215765576
      0.2066275536
      0.2985881308
     -0.1939601915
     -0.2232372730
      0.1290931064
      0.1398509649
     -0.4635289484
     -0.1232642179
      0.1604857352
     -0.1805207079
      0.3797742865
     -0.1525419297
      0.0740131648
      0.2004490383
      0.1596951738
      0.3938242685
      0.0588968380
     -0.1232724416
     -0.0333180216
      0.2206607651
      0.1309834984
      0.0352625493
      0.0182197448
      0.0907398222
     -0.1107365066
      1.0371335535
      0.3112789992
     -0.2418000483
     -0.1196784812
      0.5023745330
     -0.0212349204
      0.2298180684
      0.1265446441
     -0.3019150442
      0.1006590153
     -0.9777649066
      0.7150944222
     -0.1045208762
     -0.2629801643
     -0.2878111386
     -0.1253791924
     -0.5285766560
     -0.3191395862
     -0.0776226737
      0.1435354525
      0.0817829083
      0.0938357418
      0.3279377009
     -0.4798138265
      0.5896461747
     -0.2459873297
      0.4783890772
     -0.0483418282
      0.6832499257
      0.5302756474
     -0.1354264129
      0.0955741946
      0.2729715968
     -0.2249631715
      0.2984866648
      0.1987633191
      0.1174984224
      0.1727958701
     -0.2617894023
     -0.1764834524
     -0.4513466613
      0.0338713294
     -0.1656927988
     -0.5511449155
      0.3370235769
      0.5867785555
     -0.4349494378
      0.3647371720
     -1.9017273774
     -0.0601179858
     -0.2260203215
      0.0112422134
     -1.3423908371
     -0.5833731399
     -0.2211355583
      0.1639267992
     -0.1957303129
      0.1141018442
      1.6199440794
     -1.5134187947
     -0.1952189340
     -0.5357352547
     -0.2756642725
      0.3037749853
      0.4547735226
     -0.2333921056
     -0.2576737905
      0.2401329118
      0.0494218083
      0.0604175650
      0.0124746981
      0.2151684882
      0.0896701334
      0.2270864478
     -0.2142368291
     -0.1410465855
     -0.2485114943
     -0.1394109760
     -0.0520817671
      0.1367319806
     -0.1875494700
      0.1212664993
      0.1413456533
     -0.0967304619
      0.0282628983
      0.1194220018
     -0.1351648690
      0.0288828625
     -0.2858715650
      0.0394292485
      0.2901480904
      0.2071403116
     -0.1634064944
      0.2741856662
     -0.0926351750
     -0.0970788502
     -0.2516975748
      0.2870380040
     -0.2589917763
      0.1913998960
      0.0483215052
     -0.1143561798
      0.2613178917
      0.2444839192
      0.2670784084
      0.3163296462
      0.2291363658
     -0.1071798565
     -0.0556525308
     -0.2331938347
     -0.2891988627
     -0.2921381367
     -0.2129883574
      0.3107440387
      0.2505639502
      0.2242503487
      0.2967973233
     -0.1207615884
      0.1164751261
      0.1347143523
     -0.4769649685
      0.2640513038
     -0.2668531908
      0.1732077799
     -0.3596097479
     -0.3325448592
      0.1086395549
     -0.1831577263
      0.2227328367
     -0.2348112785
      0.3929991447
     -0.8399634241
     -0.3034702707
      0.2188788389
     -0.0057951721
      0.0957125131
     -0.0412942069
     -0.0196060792
      0.1440001274
      0.0883947018
      0.2232611438
     -0.2720363764
      0.4564923493
      0.1683376526
      0.7399867136
     -0.0029459771
     -0.0494072728
     -0.2921054515
      0.3340316601
      0.3553530199
     -0.0153950718
     -0.0482768782
     -0.1777427502
      0.0545689433
     -1.0681318470
      0.9038419608
     -0.1281649053
     -0.1299265915
      0.0837476058
     -0.1855522496
      0.1872957536
     -0.1107574275
     -0.0022226074
     -0.3471829237
     -0.1026307673
      0.1286843315
     -0.0916414240
      0.2975970868
      0.1237445295
      0.1336062226
      0.3659610264
     -0.3291878197
      0.4405511239
      0.1524661622
     -0.1191927650
      0.0239931401
      0.0141941190
     -0.2069994721
      0.1225796579
      0.0942434545
     -0.0110185277
     -0.0788148887
     -0.2154825442
     -0.1402840211
     -0.0914557164
      0.1428806497
      0.0404187998
     -0.1385157720
      0.1520792378
     -0.2000991878
     -0.0884735841
     -0.0968566620
     -0.8105834169
      0.1548958120
     -0.4506758175
     -0.2038500278
     -0.4955135585
     -0.1377279295
     -0.0634607454
     -0.1630976228
     -0.3004750906
      0.1962167065
      0.0979400191
     -0.7454336493
     -0.3298007973
      0.0553280084
     -0.0429910980
     -0.2943836162
      0.0444184331
      0.1495437757
      0.0961077725
      0.1924208236
      0.1037518174
      0.0934074161
      0.1437010025
      0.0113432776
     -1.1027138024
     -0.0364834453
     -0.3745116712
      0.2188568908
     -1.0653140148
     -0.1797902027
     -0.2626497876
      0.3465995770
      0.0212093345
     -0.1308732022
      0.4339455024
     -1.4456211476
      0.0784493525
      0.0855758696
      0.1380571554
     -0.2471539414
      0.1354491979
     -0.1872017931
     -0.0127367257
     -0.0177454909
      0.2663775470
      0.1553814743
      0.4493570081
      0.1531369786
     -2.0231039681
      0.1371697069
     -0.1039314443
     -0.2413490801
     -1.8009885794
     -0.5170262961
     -0.5152837967
      0.2059147407
     -0.3036694568
     -0.0899085332
      3.3571074840
     -2.4930779785
     -0.3508510537
     -0.1711161701
     -0.5961369866
      0.1212869429
      0.1252160044
     -0.1986035662
     -0.2259523829
      0.2527081281
      0.6534773467
     -0.0214608300
      0.0806571570
     -0.0695463447
     -0.0747579275
     -0.1414388270
      0.0978201676
     -0.3468634303
      0.1362816584
      0.0753293236
      0.2433955321
      0.1415535882
     -0.1239134419
     -0.1071753356
      0.3053592712
     -0.2798280791
     -0.0328770215
      0.1042993677
      0.0672833473
     -0.0198750706
      0.1501310411
      0.1782591399
      0.2073369949
      0.2314284467
     -0.1246887279
      0.0293258060
      0.1986950435
     -0.2006932493
      0.1353210650
      0.0483452324
      0.0975020524
     -0.2699499966
     -0.2012171551
     -0.1304916038
      0.2467695491
      0.0985296252
      0.1049061733
     -0.2472679650
      0.1301806129
      0.1241985051
     -0.0381550557
      0.1805269805
      0.0992454288
      0.0390311387
      0.0429635626
      0.0276030809
      0.1710900888
     -0.0086343333
     -0.0567927232
     -0.1701449739
      0.1601116107
      0.2772626557
     -0.3886483439
     -0.2338812404
      0.0452789427
      0.1096596635
     -0.4320662678
     -0.4009068873
      0.1422860368
     -0.2540965205
     -0.2434975578
      0.1393022305
      0.3981634982
     -0.8760664366
      0.2791016120
     -0.2885452872
     -0.3984078256
      0.1988806336
     -0.2655232796
     -0.2098696023
      0.2952061550
     -0.1451551049
      0.0732651429
      0.0580053339
     -0.0902706151
      0.1824425659
     -0.0313638441
      0.0672195247
      0.1467849814
     -0.1584324380
     -0.4733234076
      0.0876512920
      0.1291715516
      0.2997840965
     -0.2022792954
     -0.2459877845
      0.1506621247
     -0.4039673603
     -0.1945990248
     -0.1924084307
      0.2329169595
      0.2514556706
      0.0164942320
     -0.0014300039
      0.2186741793
      0.1748494513
     -0.3296486946
      0.0763990050
      0.1174871663
      0.2061509171
     -0.1243444210
      0.2257738707
      0.0207715367
      0.0096881502
     -0.2199081100
     -0.0677570728
      0.0952316459
      0.2204115646
      0.0246890917
      0.2756382914
      0.0809040159
      0.0102463338
     -0.2768883549
      0.1091558982
     -0.2472190281
     -0.1979451875
      0.2448806244
     -0.1241437565
     -0.0355533942
      0.2322608833
     -0.2313728326
     -0.1336971098
      0.2187243802
      0.1933802174
      0.4098296847
     -0.2719545375
      0.4452352062
     -0.0213560862
     -0.3755468801
      0.0044795367
     -0.1945654343
     -0.3024186669
      0.1105188604
     -0.1677255547
     -0.4714211520
      0.8258273492
     -0.1210216740
     -0.1078504566
      0.2390597312
      0.2919635984
      0.0820832166
     -0.1413903246
     -0.1784731855
      0.1665399061
      0.0245456358
      0.3415664139
     -0.5418373859
      0.2352596386
      0.4219227646
      0.0334845397
     -0.3419994456
      0.3208510114
      0.2098560899
      0.6062853146
      0.0359387999
      0.0620967442
     -0.0635112413
      0.1708310017
     -0.9249814795
      0.0549626340
     -0.1293181282
      0.2385886405
     -0.1387167005
     -0.1936762970
     -0.5294704318
     -0.0450188532
     -0.2511174148
     -0.1724803474
      0.0804487553
      0.1636541007
     -0.4143825983
      0.2260303434
     -0.2639988364
      0.2009359852
      0.4348374572
      0.1711111418
      0.3159568292
      0.0732872308
      0.2677148484
      0.2269374130
      0.2766336082
     -0.0241946840
     -0.1684304139
     -0.1662214773
      0.1679556742
     -0.1736303742
     -0.0028451664
     -0.2132701000
     -0.1372402226
      0.1168623752
     -0.2875958553
      0.1197113828
      0.0386919328
      0.0795224297
     -0.0909707217
     -0.0171224889
      0.3230730033
      0.2471085578
     -0.0257469641
     -0.5426090322
     -0.0668085145
     -0.3184900645
     -1.1243771276
      0.0930021660
     -1.2982397753
     -0.1804009171
      0.0009080052
     -0.6564861642
      1.4389690725
      0.1482047169
      0.6558674913
      0.5100362184
     -0.4606648832
      0.0650720707
     -0.5079064215
      0.4723380998
      0.9518771676
     -0.9332610076
     -0.8763816304
      1.2936823295
     -0.2730139781
     -0.8638410127
      0.8239842713
     -0.1753843963
     -2.2007572885
      0.3923993884
     -0.7359282341
     -0.2408141075
      1.5017114648
     -0.2661464291
     -0.6185806424
      0.1319740263
     -0.2559269394
     -0.0248526502
     -1.1895081105
      1.2684239541
     -0.1790800429
     -0.3359867747
     -0.3482614062
      0.4417574363
     -0.3186342157
      0.3993914752
     -0.7379236622
      0.0179664381
     -0.3207556978
     -0.2475910819
      0.3102467102
      0.3734466625
     -0.5347932877
      0.2896557988
     -0.0727124883
     -0.2529535995
     -0.3205933176
      0.2198571213
      0.1437984029
      0.3872170939
     -0.3064501550
      0.3685180776
      0.1943276973
     -0.5729764062
     -0.3913043959
     -0.0838681309
     -0.1313821857
      0.4744946922
      0.0200790775
      0.3689682129
     -0.4410490375
     -0.0429675392
     -0.4458172929
      0.1775235084
      0.1370091334
     -0.4790261324
     -0.5679891621
     -0.3360380693
     -0.2592823866
     -0.0960670278
     -0.0984370474
      0.6914949741
      0.6654246621
     -0.0488412773
      0.1578045486
      0.4269136065
      0.3270584186
      0.2498571544
      0.0097198939
      0.2514014420
     -0.0398295079
      0.4539428377
      0.2444945826
      0.0293241970
      0.1390110661
     -0.6178687207
     -0.1615635379
     -0.1723402090
      0.1964476728
     -0.0364381246
      0.1230766410
     -0.3509524578
      0.0881656167
     -0.0042985428
     -0.8432820749
      0.0906133020
      0.2445430933
     -0.3196342451
      0.4837862631
     -0.4533081578
      0.1195746387
      0.3640509096
      0.5532215425
      0.6254308906
      0.1104737195
      0.7696235480
      0.7580587913
     -0.3848840424
      0.3085164772
      0.2367168377
     -0.5180880418
     -0.0458105009
      1.2463585646
      0.2484396027
     -2.2922546396
      0.2341236944
     -0.6423016544
      0.1934167225
     -0.3159001772
      0.0951986866
     -0.6839665545
     -0.3744654289
      0.1567162067
      0.4241504977
     -1.0355295427
      0.4239881630
      0.0830715472
      0.3371544759
      0.2336542614
     -0.0016845260
     -0.0127200452
      0.1144568080
      0.5767880373
     -0.0630222186
     -0.3884597335
      0.6084648712
      0.5418619971
      0.2872184582
     -0.1579992655
     -0.5135731438
      0.7555769101
     -0.0940176094
      0.0387556438
     -0.1291032330
     -0.5691495898
      0.3560954006
     -0.0153979051
      0.1230934101
     -0.8991168744
     -0.0451877434
     -0.4758155504
      0.4295608992
     -0.3293968662
     -0.2973049978
      0.4058068017
      0.1464091964
      0.4841484617
      0.6077296157
     -0.2688192674
      0.1589755786
     -0.1486920445
      0.3843626951
     -0.8340130961
     -0.0333796810
     -0.4096863150
      0.3051522649
      0.2190264839
      0.0404331954
      0.4154587212
     -0.3743295883
      0.8553924109
     -0.1988185654
     -0.0992913548
     -0.2364598103
      0.5251664536
      0.3002850311
     -0.2033713130
      0.0906212094
      0.2107669539
     -0.5460153498
      0.3477928792
      0.5787805549
     -0.2446377428
     -0.6621362868
     -0.0540324121
      0.3668853593
      0.5715766659
      0.3691584489
     -0.3043764436
      0.0970450130
      0.4051696303
      0.0914856506
     -0.1497854035
      0.3915806151
     -0.3611358875
      0.0141297259
      0.4773860693
      0.1442198701
      0.0258762621
     -0.7648369368
      0.0202387263
     -0.3000038106
     -0.3067693363
      0.5228711730
     -0.4776813673
     -0.5726540103
     -0.0177433040
      0.1114128398
     -0.5611396959
     -0.2449223330
      0.5596487402
     -0.3686010226
      0.5595257990
      0.4875747716
      0.3653370419
     -0.2240776682
     -0.2733843346
     -0.3381035213
      0.3063725084
      0.1968060013
     -0.7016829715
      0.0807365220
      0.3362796983
     -0.4073660387
      0.4466721550
     -0.1190034669
     -0.2417367938
     -0.4399394184
     -0.1450370625
     -0.0326117986
      0.0738887535
     -0.6890110465
      0.1949296631
      0.0322394057
      0.1874528801
     -0.6536627661
      0.1885026345
      0.2529191845
     -0.6533926204
     -0.5591978937
     -0.9164279221
     -0.2194765645
     -0.4201723133
     -0.1504905781
     -0.7447883163
     -0.0453225795
     -0.7141714600
      0.4646958008
     -0.0306886088
      0.2849015597
      0.8643024581
      0.0738038844
      0.1362847843
     -0.7852007771
      0.1162139543
      0.2051253784
      0.7000183165
     -0.9917258271
      1.3652769527
      0.6414328008
     -0.8007007736
     -0.2417874201
     -1.7684178188
      0.3194329457
     -0.0467613947
     -0.2759471688
      0.5688440405
      0.3833390476
     -0.1403469470
     -0.9217853250
     -1.0655492251
     -0.5154042494
     -0.2651904399
      1.2293696494
     -0.4712163411
     -0.2962520417
     -0.4001603123
      0.2203769163
     -0.9344176067
     -0.1697730676
     -0.4611969988
      0.3152362542
     -2.4079792003
      0.1579475099
     -0.6130294886
      0.1872713712
      0.2900118528
      0.8754540007
     -0.4400967839
     -0.2422839568
     -0.1142062406
      0.3211492652
     -0.3901524987
      0.7544649792
      0.2586420561
     -0.5255742368
      1.5663259997
      0.2931427863
      0.3277704014
     -0.4243322223
      0.4015879480
     -0.7660262201
      0.4375069665
      0.5456395846
     -0.2652257693
     -0.1417535590
     -0.2192835855
      0.8857476620
     -0.2068554250
      0.2660192186
      0.4108114711
      0.3232285119
      0.2049332908
      0.1197953634
      0.3094949341
     -0.2841417982
     -0.2069353959
     -0.3050513836
     -0.4181079918
      0.3317436462
     -0.1335624726
      0.0624303065
      0.1938922412
     -0.0029731538
     -0.3886439293
      0.0111164335
     -0.1444164489
      0.7777876495
     -0.0283075138
      0.2850964408
     -0.0299916011
      0.6063431856
      0.1090494809
     -0.0945374255
      0.6086456688
      0.1509922984
      0.0202853713
      0.1947342196
      0.5125659558
     -0.1255522756
     -0.1539916273
      0.1213761987
     -0.2761198241
      0.4468150993
     -0.4009017421
      0.4354811425
     -0.4789973755
     -0.0328622303
     -0.1242259854
     -0.7477866767
     -0.6848512448
      0.5647572011
     -0.1249826955
     -0.3451683246
     -0.6376435810
     -0.3273348136
     -0.0597856697
     -0.4820976188
     -0.2007717485
      0.1807574577
     -0.2320812450
     -0.1957663148
     -0.3759548702
     -0.7526390439
     -0.7107764516
      0.6139705602
     -0.3722099011
     -0.4021287875
     -0.1573754255
     -0.0892566716
     -0.5805859904
     -0.3208246715
      0.8289206703
     -0.3172681746
     -0.2456592963
      0.3664188553
     -0.2209912875
     -0.4817740855
     -0.1339026926
      0.3365664020
     -0.7426112600
     -0.9604505361
     -0.4977086667
      0.3291776399
      0.4053244566
     -0.6099110321
     -0.1277011792
      0.0135616618
      0.1546108167
      0.1869952091
      0.2635741640
      0.1876260815
      0.2057084798
     -0.3248005017
     -0.1345651904
      0.6255203264
      0.3278366116
      0.2077031579
     -0.1328415890
     -0.3728020908
     -1.1103175044
     -0.2976359309
     -0.0223112188
     -0.0077401338
     -0.0618442804
     -0.2274611765
     -0.3157410774
      0.4569894591
     -1.0603587050
     -0.3558884329
      0.0094922186
      0.9663649134
      0.3331811330
     -0.8164412474
      0.4342830441
      0.5731410466
     -0.7393398204
     -0.1476979234
      0.5126305233
     -0.5843704952
     -0.3224634929
     -0.2022862408
     -0.4621774212
      0.2329556232
     -0.0213213636
     -0.1159508931
      0.0105322864
      0.0266754740
     -0.2240542547
      0.7522457809
     -0.1233344209
     -0.7397997377
      0.7096915153
     -0.5543819001
     -0.2866637879
     -0.3003840660
     -0.4625134712
      0.6192772943
     -0.4183276783
     -0.6404518112
     -0.1394599129
      0.2002338275
     -0.5713043010
     -0.3068708879
     -0.3877288167
     -0.8297436972
     -0.3357497948
      0.3890317559
     -0.6346726863
     -0.5814211746
     -0.3433276652
     -0.5399966955
     -0.3259326563
     -0.5008385873
      0.4927008366
      0.1027883058
      0.3259062670
      0.6099428661
      0.3905371623
     -0.4012152035
     -0.4038381744
     -0.2972688977
      0.4085933557
     -0.6004425627
      0.1522503950
     -0.0034239722
      0.4323543056
      0.1565023239
     -0.7066843371
     -0.4050985112
      0.3856359039
     -0.1412457620
      0.2602670271
     -0.4519492057
      0.1091453494
     -0.8956160987
     -0.4285481596
      0.6422804516
      1.1296911900
      0.0168706925
     -0.1590517997
      0.0474627380
     -0.8781500802
      0.1655189125
      0.9576129916
     -0.3090126526
     -0.0364133460
     -0.7858571951
     -0.2159881333
     -0.0051765627
      0.0128831860
     -0.4633884466
     -0.7114837264
      0.4592764950
      0.4943145890
     -0.2324999739
      0.7003399897
      0.0070282452
      0.4879187548
     -0.2709721760
     -0.4371071200
      0.2774973044
      0.0870737187
      0.6966519947
     -0.1422039874
     -0.4437399597
      0.0560170638
     -0.2722177701
     -0.4783868372
     -0.3571761037
     -0.5771548006
      0.0632709272
     -0.0315563442
     -0.5498493428
      0.2112746624
      0.1972015437
      0.3456381027
     -0.2343395552
     -0.5179994575
      0.6036025535
      0.3049127598
     -0.3932367928
      0.0404294033
     -0.2930441163
      0.2850487025
      0.3458311585
      0.7704480150
      0.2066214036
      0.7007637782
      0.5326946697
      0.1407551905
     -1.1875734751
     -0.5625755967
      0.0577631006
      0.3738661738
      0.1777326648
     -0.5315962392
      0.4599424887
     -0.6034960430
     -0.3725564648
     -0.2851920441
     -0.2207845511
      0.2664681169
      0.3768984546
     -0.4050463897
      0.0862529475
     -0.2924282723
      0.5227559739
     -0.4659574462
      0.4795077493
      0.4989150765
     -0.0990279369
     -1.2642147828
     -0.1821013600
     -0.1858463679
      0.2847445481
      0.4006947626
     -0.3198973448
      0.4335436132
     -0.8711581074
      0.1202151771
      0.2546262307
     -0.1840525261
     -0.6598657718
      0.1189874462
      0.8859607952
      0.5054561685
     -0.0752670627
     -0.5761534317
      0.0735411787
     -0.1920192102
      0.1944605356
     -0.9670563274
      0.5116880747
     -0.3805489041
     -0.0020043901
     -0.3484864613
      0.4175060685
     -0.1114811166
      0.4725359879
     -0.3304962010
      0.4791115225
     -0.1202763608
      0.8392307715
     -0.9382364158
      0.6403462166
     -0.0404544547
      0.0585574596
      0.3522531785
     -0.8619423280
     -1.1920409799
     -0.3808221833
     -0.5791302036
     -0.5913262146
      0.9644619637
      1.3141857107
      0.6746054605
      0.2082028494
      0.3245044884
      1.2344639651
     -0.6467961019
      0.1771524696
     -1.3675718704
      0.0534138145
      0.3990023177
     -0.1859608588
     -0.1766190551
      1.0974059166
      0.9177278566
      0.9026474733
      1.0463435139
      0.3532070027
      0.8948952169
     -0.0083378442
      0.0383428330
     -0.1008126659
     -0.1134637830
      0.0130311229
     -0.4640217870
     -0.1284041253
      0.1000159240
     -0.0691616024
      0.1473515916
      0.1724679921
      0.1224929312
     -0.0310312717
      0.0472179738
      0.2031199064
     -0.2269308663
      0.1549584541
     -0.0921762503
      0.4653073169
      0.1623787616
      0.1034080278
     -0.3328816535
     -0.0249135825
      0.1980279764
      0.0368476322
      0.1361787712
