     -0.2520943753
     -0.0853772212
      0.3799513849
      0.4017756230
     -0.0111026335
     -0.0606907896
      0.1074385943
      0.0026837894
     -0.0419800028
     -0.0110118188
      0.5938638689
      0.1836134211
     -0.0821728943
      0.0655061327
     -0.1406603150
     -0.0110440086
     -0.0697005459
      0.1483754628
      0.0909221917
     -0.1360700986
      0.3051747092
      0.4691524284
      0.0020350446
     -0.1671915591
      1.1634114190
     -0.8449544276
     -0.0523966297
      0.6998684582
     -0.2540660429
      0.3111018115
     -0.2270184338
      0.0108424340
     -0.1118289084
     -0.2928008991
     -0.0457916685
     -3.2764777421
      0.1163143284
     -0.2042489145
     -0.2505618023
      0.3997535368
     -0.2452333288
     -0.2478755164
     -0.2022590418
     -0.0471164260
      0.8983690786
     -0.5454144599
      0.2168621886
     -0.3306654466
      0.3718627316
     -0.1825347317
     -0.5873868415
      0.2981547843
      0.3755285642
      0.5664953124
      0.7211463493
      0.2766572571
     -0.1930465619
      0.2594691734
      0.6232593154
     -0.3837338678
     -0.3655531557
     -0.1401833772
      0.1158451878
     -0.5159903461
     -0.0531713556
     -0.2508606229
     -1.3051854302
     -0.0580922341
      0.8335327684
      1.2689677359
      0.0827693947
     -0.1640318645
     -0.2992562973
     -0.1137712823
      0.0281537225
      0.0197988989
      0.1280996739
     -0.3621506251
      0.3958849175
      0.1014124022
      0.1145692403
     -0.2034352694
     -0.4484475444
     -0.1168270525
     -0.2139364334
      0.3941280952
     -0.3009982104
     -0.2333480950
     -0.0075011396
      0.2217300646
      0.1865296635
     -0.2673343714
     -0.0847395802
      0.0604972564
      0.4161715579
      0.1099105130
      1.0773808894
     -0.0171110940
      0.1681801360
      1.0360679683
     -0.0396873495
     -1.1909404010
      0.1035462632
     -0.3729435433
     -0.0976462539
     -0.2998433072
      0.5383407524
     -3.0337822262
     -0.5700455593
      0.5408698948
     -0.2756999704
     -0.2205624982
     -0.1615629546
      0.1989189585
     -0.6889995733
     -0.3984317836
      0.1736796258
      0.4992988811
      0.2775891004
     -0.0273906722
     -0.1006441448
      0.3540714821
      0.4884625368
     -0.8667126989
     -0.2661392760
     -1.1002862192
     -0.1076713137
      0.2290470185
      0.2252557036
      0.0428340703
     -2.0685468636
      0.0078836661
      0.0107767769
      0.3064004241
      0.1296727240
     -0.3232051096
     -0.1643674435
     -0.1660585369
      0.6188047450
     -1.2612591454
      0.5718398342
     -1.2734360935
     -0.1554506956
     -0.2711706550
     -0.0241253455
      1.0470062664
      0.1059111252
     -1.6843278666
      0.1081892856
     -1.4938553707
      0.3535572184
      0.4353694674
     -0.1332369515
     -0.1757924847
     -3.6088321614
     -0.4935197474
     -0.0076107155
     -0.1066343391
     -0.0617555391
      0.4457285770
     -0.0558430177
      0.1469412349
      1.3301983015
     -0.7615822478
      0.8908066299
     -1.8019717294
      0.2744328601
     -0.0729662492
     -0.2945729947
      0.8653510246
      0.0924966758
     -1.2628166442
     -0.2511800057
     -2.7804644322
     -0.0098983501
      0.0463576448
      0.1152758593
      0.1215277759
     -2.2658774350
     -0.9910605734
     -0.9058607970
      0.0241499959
      0.1104000398
     -0.2550777816
     -0.1876382980
     -0.1691332379
      0.5895205959
     -1.0957204209
      0.2224847733
     -0.8862994663
     -0.1017378109
     -0.2337433821
     -0.0159439091
      0.0173881618
      0.3768985618
      0.3567375640
     -0.1870457269
      0.3861272917
      0.1458295601
     -0.0446896022
      0.1595995079
     -0.1953833496
      0.3314816980
     -0.0807224055
      0.0807777268
     -0.2651126549
     -0.1128092000
     -0.2694043810
     -0.0805241883
      0.1821735527
      0.1194629671
      0.4203369848
     -0.0615046706
      0.3401280037
     -0.0161358516
      0.2578743275
     -0.0055751925
      0.0887060752
     -0.0076128628
      0.5917438867
      0.3966468046
      0.6163372803
      0.3683056265
      0.1135347680
     -0.0178299114
     -0.1809478367
      0.1927501651
     -0.8474323842
      0.2425411892
      0.1190037263
     -0.0419433315
      0.0809939527
      0.1601013634
      0.2087972748
      0.1516227528
      0.2794253823
      0.0376268922
      0.2600503408
      0.1917765892
      0.1392030165
      0.4148711602
     -0.3241947171
      0.0194625840
      0.6420725733
      0.1375871479
      1.0185018543
      0.1182695493
      0.1921334561
     -0.0212602256
     -0.2053923386
      1.0696325160
     -0.6707503823
      0.2449316077
     -0.4770408294
      0.1914557518
      0.0310169890
     -0.0240419872
     -0.1651666854
     -0.3946317420
      0.2986827280
     -0.1376948004
      0.8688321922
      0.2703469738
      0.2180999262
     -0.1291213534
      0.1742682376
      0.0602684001
     -0.4222673647
      0.2004934498
      0.2163402787
      0.0723140351
      0.1919850406
     -0.0817835011
      0.1869439568
     -0.2144682958
      0.1623270652
     -0.0553501777
      0.3225136386
      0.2258866888
     -0.1118591945
     -0.3357140349
      0.2968611238
      0.3502895626
     -0.0627279092
      0.2431923375
     -0.0033205697
      0.1628663517
      0.1209038774
      0.1879701505
     -0.4191489250
      0.3394851850
      0.0154676129
     -0.1445333002
     -0.0071389758
     -0.0008663460
     -0.2773189681
      0.1645253422
      0.2194390528
      0.0379032572
     -0.1297650059
      0.0215490246
     -0.1498545172
     -0.1819390352
      0.0009527056
     -0.1703864885
     -0.1274479304
      0.2727629428
     -0.2878343546
     -0.1837591136
     -0.0501386024
      0.1700194634
      0.2593813819
      0.3690404848
     -0.4100584940
      0.0284714753
      0.5574135817
      0.3328538586
     -0.4327491405
      0.0328752001
      0.1939993038
     -0.2298964507
     -0.2112805051
     -0.0036837282
     -0.9525631044
      0.3214887249
      0.2914480981
      0.4182704646
      0.2128339062
     -0.0385897951
      0.1662575726
     -0.1184296169
      0.2453237127
     -0.0248593858
      0.0148369751
      0.2836791077
      0.5875015048
      0.1724087458
     -0.2889919040
     -0.2998354720
     -0.1175445130
      0.3268734309
     -0.1947025851
      0.0428389285
     -0.0395271311
     -0.3793699836
     -0.1652922338
     -1.2045670781
     -0.0534385091
     -0.2642544954
      0.1808680259
      0.1122776815
      0.1407868658
     -0.0572028857
      0.1283006014
      0.4723558048
     -0.7399812919
      0.7325707483
     -0.0388239290
      0.0575037764
      0.0811509111
     -0.0442553985
     -0.0919137067
     -0.2170622662
     -0.3632617843
      0.2089559175
     -0.0799450810
      0.0916183480
     -0.0183876156
     -0.0971261324
      0.2264261109
     -0.0280531370
      0.0469436166
     -0.0113910837
     -0.1163874298
      0.2813360146
     -0.0298137779
     -0.2082453406
     -0.2713239290
     -0.0754191959
      0.2156720901
      0.0737143629
     -0.1809732836
      0.0863154911
     -0.1897580162
      0.7414139988
     -0.1062285448
     -0.2771858512
      0.5023707627
      0.1740453103
     -0.7049276141
      0.5930423913
      0.1441384526
     -0.3376855721
     -0.0044926256
      0.5013405657
     -0.3349181601
      0.2645076839
      0.4085188970
      0.2332509101
     -0.1941590481
      0.1104494744
     -0.1738654186
     -0.1035455014
     -0.3092887602
     -0.5776162639
     -0.0908668225
     -0.1857510916
      0.1372772906
      0.0992702542
     -0.2448659129
      0.0910453365
     -0.3484107652
     -0.0374829100
      0.0127999364
      0.1193323895
      0.3131083276
     -0.0969399160
     -0.0197352483
     -0.3296391458
      0.2863898829
     -0.3975654820
     -0.1244587578
     -0.3134048147
     -0.5193377784
     -0.1119571972
      0.2505054649
      0.2420353311
     -0.4578403937
     -0.4276476902
     -0.0094042232
      0.2599248845
      0.0279246793
     -0.1254780820
      0.0983628991
     -0.1491111297
      0.0151516859
      0.1248341118
      0.1309059950
      0.0095554716
      0.0280134100
     -0.2884593072
      0.0115388623
     -0.4490843328
      0.1304662447
      0.0779378347
     -0.1496054557
      0.0185772315
      0.0545473102
     -0.2832869090
     -0.1071142255
      0.4330906413
      0.1002750559
      0.2450253800
     -0.0660074141
     -0.1716073535
     -0.3140958846
     -0.0741716135
      0.4754807857
      0.1858239412
     -0.3692344795
      0.2204875838
      0.0718579447
      0.1759158677
      0.0927175704
     -0.0059784732
     -0.1891696644
     -0.3314389832
      0.5944363297
     -0.0596525965
     -0.3713861331
     -0.1461539280
      0.2518993310
      0.0276271422
      0.4766931651
      0.2140465334
     -0.1414161646
     -0.1252450020
      0.0001176691
     -0.1412974146
     -0.2952816033
     -0.3646269153
      0.5314818717
      0.0552671386
     -0.0275977230
     -0.0110245107
     -0.3943684084
      0.3396307379
     -0.0087532070
      0.0451354051
     -0.5127240667
     -0.9974000180
     -0.5050123701
     -0.3126967575
      0.1693411909
      0.1602880921
     -0.0166819234
     -0.0371107020
      0.3427238856
      0.8198787341
     -0.2232392704
     -0.3110443847
     -0.8326085081
      0.0956210517
      0.3287890724
     -0.0725190687
     -0.0160909001
      0.2373306221
      0.0331502850
      0.0050655428
     -0.1763304241
      0.3805406441
      0.3555731228
      0.0453146185
      0.2286723109
      0.3470445453
      0.2510226013
     -0.2402479193
      0.0364463029
     -0.0793019634
     -0.2642175450
     -0.2699452289
      0.1399128212
     -0.2226563346
      0.0549889395
     -0.1509919403
      0.0356934942
     -0.1865085652
     -0.2131208557
      0.0886868238
     -0.1982035645
      0.2211739117
     -0.0442512201
      0.0454216878
      0.0133743640
     -0.3213245243
     -0.0934644798
      0.0143868944
     -0.0701193231
      0.3999309202
      0.1213752947
     -0.1783126363
     -0.3054173887
     -0.0571560991
      0.0126225368
     -0.3385665177
      0.1404276230
     -0.2055876957
     -0.0394139366
      0.2387493504
      0.0023183266
     -0.2790739583
     -0.0902360080
     -0.3812022744
      0.0169343768
     -0.0911291920
      0.0195970913
     -0.6994933912
      0.1522238554
      0.1062370172
      0.0453082306
      0.5621418981
     -0.2161390112
      1.0143725783
      0.8290507586
      0.1036203668
      0.1690394229
      0.1712651610
     -0.2530731843
     -0.0328580324
      0.3519668752
     -0.5988197601
      0.0273981213
      0.1904251823
      0.3705780153
     -0.3321158459
     -0.3636750071
      0.1484946508
     -0.5146269447
      0.0002670351
      0.0099997746
     -0.0260678578
     -0.2388816115
      0.1742649993
     -0.1268953460
     -0.0121212863
     -0.0137694413
      0.1182595248
     -0.1576030210
      0.2597194719
      0.2983060633
      0.1863310686
     -0.5307766893
     -0.1525027396
     -0.1731513968
     -0.0383193680
      0.2225243437
      0.3689481858
      0.1452747621
      0.5283954431
     -0.4396951527
      0.2824052357
      0.0030231791
      0.2358367416
     -0.1348441347
     -0.1092157892
      0.0877514545
      0.0299907948
     -0.5125454937
     -0.0901760644
      0.1590154812
      0.3541650189
     -0.0505025908
      0.1926560247
      0.0688530263
      0.0331037952
      0.4390659694
      0.0809420534
     -0.1168469691
      0.1200368851
     -0.2290648783
     -0.0735855782
      0.0368126121
      0.0411959518
     -0.2571857127
      0.0089448334
     -0.2574054591
     -0.3278624813
      0.4359450162
      0.3257907131
      0.2201239106
     -0.0470953995
      0.1503740075
     -0.4308131456
      0.1174099854
      0.1364748021
     -0.5142489312
     -0.2848116207
     -0.4000709668
      0.0732831323
      0.0194875003
      0.1489516752
      0.2203027713
      0.1268760724
      0.3307769760
     -0.1286147857
      0.2873156205
     -0.0603299237
      0.0137143534
     -0.3884134807
     -0.0466633377
     -0.5174054295
      0.0203466829
     -0.3155133162
      0.0081331634
     -0.4466285659
     -0.2496899900
      0.2189860637
     -0.1912475672
      0.0130872602
      0.3578291168
      0.1182992103
      0.1505111388
      0.0571778893
      0.0471451327
     -0.2759054980
     -0.3481444709
      0.0927897677
     -0.1691675325
     -0.2844182354
      0.2469683842
      0.2283357114
     -0.1328784321
     -0.4965891762
     -0.1709537882
     -0.3590459620
      0.0611239066
     -0.0492967499
     -0.0774237212
     -0.2931781169
     -0.3161355799
     -0.1367270457
     -0.1791949390
     -0.1470647198
      0.0054220368
      0.0466344363
      0.1727867086
      0.0362930641
      0.1585994500
     -0.2451200690
     -0.1018290183
     -0.1582304535
      0.0582515628
     -0.0555390227
      0.0498719859
      0.4911070195
     -0.2820496601
      0.4704499414
     -0.0369721937
      0.0841236165
     -0.2274391516
     -0.1208800420
     -0.0194096793
     -0.4263898524
     -0.0943390219
      0.1450621210
     -0.3769489381
     -0.0125471855
      0.2625571998
      0.2632376233
      0.1175252215
      0.1075477053
     -0.0564143635
     -0.0991330225
      0.3525310775
     -0.2724149400
      0.0647758076
     -0.2252233345
      0.0950535993
      0.1053268620
     -0.4425477650
      0.0220023078
     -0.0528943646
     -0.3114770249
      0.2003470344
     -0.0599580984
     -0.0301842801
      0.3197086858
      0.4879760397
     -0.2315843953
      0.2907022487
     -0.1599420707
     -0.0785614806
     -0.0826992007
      0.2121334562
      0.0678711082
     -0.1888456182
     -0.1126357916
     -0.3144412489
     -0.2289421093
      0.0693321810
      0.1224230856
      0.0600136199
     -0.3556841301
      0.3241311482
      0.5694932778
     -0.3013428099
      0.1126944769
     -0.2401047498
      0.1918355089
      0.1418053328
     -0.0857442207
     -0.2469015435
     -0.1914524233
     -0.0204979339
      0.6191393328
      0.0111278171
      0.3453993833
     -0.2633843827
     -0.2641679927
      0.0332460386
      0.1199574523
      0.1864630165
     -0.3148643856
      0.7058801365
     -0.0879943087
      0.4674654058
      0.0832516029
     -0.0518809909
     -0.0943598273
     -0.0778072841
      0.1060946102
      0.3033656225
      0.2083784318
      0.2460480751
     -0.2709447679
     -0.2476505718
      0.2199497879
     -0.2435979056
      0.6887463135
      0.1164257548
      0.0511741671
     -0.3765083253
     -0.2652897295
     -0.0975926378
      0.0266294559
     -0.1887451460
     -0.1092889878
      0.3617896166
      0.0212069052
      0.1268245719
     -0.0761965629
     -0.0216434432
     -0.2821872865
      0.0940172238
     -0.0199171383
     -0.1125591578
      0.1242557660
     -0.1232353765
      0.2734472835
     -0.1200635356
     -0.1327511416
      0.0638607534
      0.1990268109
      0.2482476513
     -0.0980777994
      0.0742612362
     -0.1958247966
      0.0724592602
      0.2695393137
     -0.1799565589
     -0.1372383803
      0.1507106129
      0.0817368844
      0.1114416355
     -0.0835379316
      0.1140103022
      0.1706126241
      0.0670256768
      0.2880628481
      0.7363291578
      0.2604348087
      0.6383749469
     -0.0421889682
      0.0288957654
     -0.0874455082
      0.0339485050
      1.7088585478
     -0.0954238936
      0.2002948311
     -0.1298405681
      0.1636075201
      0.1821100458
     -0.2395045783
     -0.1671217484
     -0.7050442879
      0.9226252118
     -0.5541374118
      0.5172216618
     -0.1857095007
     -0.1283999751
     -0.2454089650
      0.2793935562
      0.2612129356
     -0.0265552445
     -0.0014903133
      0.2491286643
      0.1723088975
      0.3148176964
     -0.1104438335
     -0.2304421293
     -0.0221898264
     -0.2737466415
     -0.2398419321
     -0.0851234977
      0.2993698135
     -0.2630376953
      0.1733198452
      0.0975565107
      0.1576053073
      0.2124440978
      0.2159640862
     -0.0165679980
      0.1248585548
      0.2148969455
      0.0047683418
      0.2736234950
     -0.2351327850
     -0.0128741527
     -0.1988494326
     -0.3391763819
     -0.0997169754
     -0.2440670299
      0.2004266048
     -0.0059810527
     -0.2595690130
     -0.2276231808
      0.0354156841
      0.1903541921
     -0.2668525173
     -0.2057912225
     -0.3081213943
      0.2651831995
      0.0276825994
     -0.2523885315
      0.3779820147
      0.1451857891
     -0.2561930412
     -0.3004635129
      0.3043477625
     -0.3467959235
      0.1822663825
     -0.1749444522
      0.0203498616
      0.0527681766
     -0.3083583525
     -0.1642934627
      0.2434880044
     -0.2337308663
      0.0256789398
     -0.2973070306
      0.3158396958
      0.1172938871
      0.1566171780
     -0.1885491749
     -0.0495536515
      0.2705126802
     -0.1848318710
     -0.1561276828
     -0.1257166812
      0.2983725698
      0.1124871201
      0.0597357728
     -0.1908344720
     -0.0365294445
     -0.2221174856
      0.1117217070
     -0.1621293576
      0.0811210826
      0.1897887793
      0.2110712654
      0.0020233105
      0.0532665126
     -0.3864343671
      0.0029403574
      0.0656465734
      0.2446506556
     -0.1323428241
     -0.2045490714
     -0.2483804686
     -0.0921145065
     -0.0034525068
     -0.3298742993
     -0.3392448651
     -0.0503298606
     -0.0328090913
     -0.2485591275
      0.1149335692
      0.1965653648
      0.0200762833
      0.1412372779
      0.2599903444
     -0.2485485196
     -0.0701361376
      0.2214807254
     -0.2292685382
      0.1472598301
     -0.1414129173
      0.2663987630
     -0.2023520121
     -0.1733830359
     -0.0440422821
     -0.1468071235
      0.1711706660
     -0.2460635630
     -0.1223612823
     -0.2124853175
      0.2722505272
     -0.1842208819
      0.1587146601
     -0.0896375896
      0.3564060867
      0.1583403439
      0.1559029561
      0.3412041243
     -0.0832753988
     -0.6139967760
      0.1143165241
     -0.1364344094
     -0.3159880140
      0.2393078010
     -0.4884163628
     -0.7141913126
      0.0736954781
      0.6330308114
     -0.0685689762
     -0.1962720828
     -0.1246364774
      0.0578827719
      0.0717541551
     -0.3900691196
      0.2158480126
     -0.3187734852
     -0.3221434662
     -0.0202153185
     -0.0400967197
     -0.2761765193
     -0.1019680939
     -0.0377812668
     -0.2882201741
      0.0661469840
     -0.1612296398
      0.0375155346
     -0.0509305300
     -0.2606389599
      0.1663984904
     -0.0279340345
      0.3101201936
     -0.3071202182
      0.2799129107
     -0.2592396436
     -0.0744410831
     -0.0782150125
     -0.0968371672
      0.4139932743
     -0.0790772451
     -0.1925829386
     -0.1137560483
     -0.1797478039
      0.3817120184
     -0.0564346020
      0.1973532717
      0.3590799223
      0.1227627448
      0.0694423484
      0.2121746015
     -0.0782117231
     -0.0189048498
      0.3176324948
      0.2645054487
     -0.2365170817
      0.0070727213
      0.1301982295
      0.0067921850
     -0.1304125192
     -0.1453217067
     -0.2163399498
     -0.3842097592
      0.0901657228
     -0.1634052741
      0.0553437855
     -0.1930874407
     -0.1972775506
     -0.1479797578
     -0.2600008172
     -0.0236896753
      0.1585846130
      0.1898729814
     -0.0904379733
      0.1657139244
     -0.3358222585
     -0.1376624561
      0.2130410728
      0.4251904499
      0.1412908786
     -0.1229116156
     -0.3038222883
     -0.1335465611
     -0.1739271296
     -0.2526293743
      0.0770052009
      0.1646500374
     -0.0310702337
     -0.2568786914
      0.4343481891
      0.0415832615
     -0.1799767191
      0.1724341506
     -0.0489598242
     -0.0239646299
      0.1664509875
      0.2040080030
      0.0317062432
      0.0483342842
      0.1021843626
     -0.3097095474
     -0.1179652060
     -0.2186390005
      0.0749318950
     -0.1479292400
     -0.0596997073
      0.0192640716
     -0.1743039025
     -0.2896710987
     -0.1261327209
     -0.1637461478
      0.0649784333
     -0.2235227998
      0.3533093010
     -0.1120580962
      0.0551957577
     -0.1524266933
      0.0126695421
      0.2884727236
      0.2974144432
      0.0313504460
     -0.0744369682
      0.1293264564
      0.1288179509
      0.3137163519
      0.1829451817
     -0.1217941918
      0.3138239131
      0.2943876130
      0.1994088437
      0.1781994832
     -0.2750598006
     -0.1594695886
      0.1648861312
     -0.1864642001
      0.2215663900
     -0.0423647464
     -0.2632638376
      0.1935576033
      0.2743502776
     -0.0933252154
      0.2111614808
      0.1838207328
      0.0262298231
     -0.2307751859
     -0.4764854735
     -0.5424922103
     -0.1215801758
     -0.6011009250
     -0.0575491324
      0.0829007864
      0.8203274052
     -0.0999496712
      0.9347886376
     -0.2265868816
      0.2690505520
      0.0924507941
     -0.1609720235
     -0.0293506056
      0.4834368069
     -0.0402052994
     -1.0956630741
     -0.0905577684
      0.2069057604
      0.0479957318
     -0.3345047434
      0.3519734693
      0.2696379039
      0.1968695077
      0.3937853017
      0.1472525140
     -0.4068076849
     -0.0491927090
     -0.1450722160
     -0.2553671315
      0.3225628084
     -0.4599945397
      0.6357023508
      0.3196102169
      0.1005829500
      0.1161758542
      0.1169450378
      0.3560545269
     -0.1746684493
      0.4048584407
     -0.3826187693
     -0.2378121746
     -0.3320836734
      0.2353590453
      0.1283834769
     -0.1740702485
      0.3100688209
     -0.3222188027
      0.1249673496
     -0.2734343329
      0.1438287792
     -0.2304931124
     -0.0355199582
      0.1386069756
      0.0331822235
      0.0709517959
      0.3663236749
      0.1324080706
      0.1975530535
      0.0027010600
     -0.2348340123
      0.4096866476
     -0.0220911362
     -0.1421312362
      0.1564113050
     -0.2957634434
     -0.1443323151
     -0.0524201129
     -0.1489107644
     -0.2454895985
      0.0164197358
     -0.0381515043
     -0.1112070252
     -0.1710574035
      0.3002573745
     -0.1334809689
      0.1444382954
     -0.1912713508
     -0.2339521766
      0.2251859455
     -0.0404860880
      0.2558173580
     -0.2351696216
     -0.1696297949
      0.1087487835
     -0.1968696761
     -0.1525313952
     -0.0552255569
     -0.3090353460
     -0.1114823105
      0.1823008039
     -0.1217570727
      0.2747311946
     -0.3164689407
     -0.2543469308
     -0.2687228300
      0.0084446800
      0.0712113330
     -0.0704548322
      0.0278202426
      0.2169004710
      0.1915185346
     -0.0508231192
     -0.2587585419
      0.0410640230
      0.1269795609
     -0.0596841021
     -0.2602772799
     -0.1786496089
     -0.0253930082
     -0.2649688237
      0.0699884633
     -0.0673837418
     -0.0867868674
      0.2453479478
     -0.1982274923
     -0.2204914537
     -0.2073583860
     -0.3118965835
      0.1450819677
      0.1535185141
      0.1145903259
     -0.0713694628
      0.0764972305
      0.0416208985
      0.1179149205
     -0.1147651005
     -0.1467110238
      0.1300944903
      0.0255489763
     -0.0540344476
      0.1408612970
     -0.2664114684
      0.3045382288
     -0.2271769517
     -0.1901316909
      0.0212910571
      0.0824223978
      0.2177925609
     -0.1846919107
     -0.1921022308
     -0.1680710863
     -0.0511594166
     -0.2479485502
     -0.4374915407
      0.2760664899
      0.2001005764
     -0.2837561265
     -0.1505463802
     -0.0302070939
      0.1520966209
     -0.4149761471
      0.0562157725
      0.1135598690
      0.2328299700
     -0.0541049466
      0.1927855256
      0.1330593775
      0.2977194632
      0.1786559190
     -0.2713175821
     -0.1778398874
      0.1206310657
      0.0565655755
     -0.1514808017
      0.0332180265
      0.2562893997
      0.2194911622
     -0.2154914944
     -0.0990479542
      0.2765614971
     -0.1516652381
      0.2312132305
     -0.1814547981
     -0.1530183973
     -0.2896551546
     -0.0241384160
      0.2651190712
     -0.0147419113
     -0.0447974367
     -0.2088319439
      0.0854736412
     -0.0621665323
      0.3482866376
      0.2180331752
      0.1943988137
      0.1187071514
      0.3673997021
     -0.0096067014
      0.1154955223
      0.2609651106
      0.2320765083
      0.2324225984
     -0.2702357599
      0.0227620725
     -0.1363655255
      0.2767422123
      0.3120449555
     -0.2012345652
      0.1716932314
     -0.0829146219
     -0.1961904842
      0.2268120814
     -0.2819674828
     -0.0225995520
     -0.1610342745
      0.2634530474
     -0.3395752834
      0.0415993407
      0.1746443427
      0.0882182358
      0.0511938347
      0.1594947557
     -0.2244632109
      0.3800491244
      0.1569295073
      0.1820072653
     -0.2800030508
     -0.1905434987
      0.1621702278
      0.2939385174
      0.8547027033
      0.5628427500
     -0.1281408191
      0.2392557336
      0.0051339941
      0.0446417316
      0.0917879477
      0.0006974140
     -0.6231905868
      0.2173412760
      0.0904903217
      0.2197058980
      0.2712348192
     -0.2698770980
      0.0194320461
     -0.0142659748
     -0.2568973363
      0.5942010029
     -0.1944049507
      0.8064770888
     -0.2996419618
      0.0134880369
     -0.1022267697
      0.2039818830
      0.7331442102
      0.1775793274
     -0.3150298579
      0.5469412339
     -0.0981746768
      0.2034061789
      0.0981476949
      0.1603743181
     -0.6069549610
      0.5221683438
     -0.1958487008
      0.5721084407
      0.2641727486
     -0.2323297068
     -0.0123595181
      0.4623672438
      0.1183734182
      0.0932357015
      0.1461710147
      0.1854179120
     -0.1139950435
      0.2120309886
      0.2554130656
     -0.0855694943
     -0.0145114514
      0.2432816798
     -0.1241299403
      0.2287507518
     -0.3033118450
     -0.0915113472
      0.2540249334
      0.1686410220
     -0.1796930578
      0.3545238780
      0.2463836672
      0.1231781425
     -0.1806790115
     -0.2752489848
     -0.2156895131
     -0.2947138209
      0.0520382399
     -0.0705313074
     -0.1051963134
      0.3667253236
      0.1019673452
     -0.2337469869
     -0.0462958717
      0.0138295821
      0.1149197160
     -0.1362312741
      0.3650264944
     -0.2006940862
      0.1704820306
      0.2825659294
     -0.2929589802
      0.1149869842
     -0.2197236149
     -0.2658483897
     -0.0421373693
      0.1259778124
     -0.0682381928
      0.2412819116
      0.1892792711
     -0.1386541994
      0.0785755931
     -0.1274118154
      0.0799505014
      0.3231987969
      0.1957401355
      0.2632658128
     -0.3023227720
      0.3063025246
      0.0397303186
      0.0204086908
      0.0986753732
      0.0835723107
     -0.2768033397
      0.1468084991
      0.2534149359
     -0.2538419092
     -0.1577826638
      0.3239080829
     -0.0506049051
      0.2068368534
      0.0007470395
      0.2341162014
      0.1725271568
      0.3514934535
      0.1215224277
     -0.3007777158
     -0.2079173254
      0.0459642047
     -0.1176445368
      0.1078692653
     -0.0134795185
      0.2225000218
     -0.1077175026
     -0.2382009582
      0.1924815022
      0.3372869359
     -0.3095382384
      0.2711038034
     -0.2691214981
      0.2027630419
     -0.1965714881
      0.0735134467
     -0.2018431146
     -0.0988392039
     -0.0158939450
      0.1032236994
      0.2802000847
      0.2053887223
      0.2482554605
      0.0134847520
     -0.2108068358
     -0.3324546648
      0.0950824559
     -0.2382075997
     -0.1165851231
     -0.2143057629
     -0.4811076805
     -0.0319988112
     -0.5451718094
      0.5104119564
     -0.1091877253
      0.2991257493
      0.1289738118
      0.2185711521
      0.2870636581
     -0.3610188490
      0.1766228222
     -0.6361142923
      0.2232415229
      0.0102360975
     -0.0355606939
      0.1942159888
      0.2006868980
     -0.1417046613
     -0.1012236334
      0.3094185421
     -0.2050101734
      0.2772316393
      0.2141866517
     -0.1000231925
      0.4961855771
     -0.2725042101
     -0.2447937224
     -0.2025891667
     -0.0303325826
      0.0267281006
      0.2608892473
      0.2325515471
     -0.1986717076
      0.0899310080
     -0.0651800433
      0.5579669136
      0.1422332849
     -0.2172352323
      0.0770879379
      0.5392138318
      0.2890625805
      0.0982188704
     -0.1733510779
     -0.4227045708
      0.2325773690
      0.2158966570
     -0.1886720959
      0.1027565303
     -0.6833220030
      0.0761889230
      0.0749741907
      0.4227661282
     -0.3059389112
      0.2218373023
     -0.1709765294
     -0.1315575303
      0.5357378217
     -0.4227076804
      0.4429374396
     -0.0050641971
     -0.1133505889
     -0.3068521130
     -1.4614476996
     -0.5515964645
     -0.3634707822
      0.4995379648
      1.3657528541
      0.1548736647
      0.3832118918
     -0.0046700068
      0.4981755308
     -0.9731852935
     -0.2868394916
      1.9830696256
     -0.1327007738
      0.4034908121
      0.9978011490
      0.8566270425
     -0.7488577580
      0.9159838860
     -0.9107049858
      0.4213808185
      0.4838379256
     -0.3723925368
      1.3307382868
     -0.7958520973
     -0.3608466154
     -0.4898627509
      0.0055245302
     -0.0797187001
     -0.2620665559
     -0.0948621172
      0.4524670885
      0.1963682818
      0.3111203315
      0.6183013036
     -0.1299651097
     -1.0471863570
      0.3837641792
      0.3850735045
     -0.5490295699
     -0.2205479917
      0.4333641407
     -0.0389953457
      0.2586676846
      0.1681498922
     -0.1936860208
     -0.1160164050
     -0.4098689191
     -0.4432125931
     -0.2476050047
     -0.4681470669
     -0.6336319993
      0.4305694504
      0.3135547833
      0.1830925643
     -0.6053288881
      0.1332240192
     -0.0274637223
     -0.3612211169
      0.4948891806
      0.4690362942
      0.7661549908
     -0.4715394441
      0.7894054168
      0.1642282315
     -0.4520587568
     -0.1867039725
     -0.3080167937
     -0.6844085748
      0.6374736022
     -0.3139544753
     -0.6200201275
      0.0831862398
     -0.4455320606
      0.6071128019
     -0.7551459258
      0.7936311981
      0.0769418154
      0.1989893032
      0.3347951518
      0.5038937624
     -1.0219851371
     -0.6350348267
      0.3446926718
     -0.4112062321
     -0.2884088083
      0.0170216930
      0.0184201613
      0.1593933319
     -0.2845460243
     -0.2335406824
      0.0400167018
      0.0206017585
      0.0552415710
     -0.1174484700
      0.3323812763
      0.3165632590
      0.1684774671
      0.0814638956
      0.4116353189
     -0.1277192060
     -0.2888863821
     -1.1114352937
      0.6698717585
     -0.4904613038
     -0.0887626041
      0.4388010599
      0.7721228353
     -0.1305733876
      0.2949049441
      0.3550891574
     -1.2070615418
      0.1533619571
     -0.3921504198
      0.5862298778
     -0.4898471238
      0.8161620416
     -0.5170791908
      0.4761872465
      0.2896962662
     -0.5916034413
     -0.0525583341
     -0.5009797745
     -0.0300854922
      0.0531568236
      0.1678883890
     -0.1348902404
     -0.2534102473
      0.1760819573
      0.4714637382
      0.0708063256
      0.6684723614
     -0.4153213199
     -0.0992877044
      0.2781098814
      0.2225158907
      0.4299346350
      0.1106860585
      0.8274739617
      0.3776255482
     -0.3025804263
     -0.0673411542
     -0.4531318185
     -0.4900156150
      0.0315963984
      0.1687287412
      0.0490277773
      0.3576927960
     -0.3612563852
     -0.1253073074
     -0.6937927214
      0.4015956983
     -0.2060221189
      0.0748995249
     -0.3626485503
     -0.0187600078
      0.3808797974
     -0.6681038240
      0.2640627459
     -1.5209778336
      0.3106875780
     -0.3411792307
     -0.3781853119
     -0.3003613938
      0.8660542419
     -0.2565895366
      0.4895596151
     -0.0823397469
     -0.1811558562
      0.2565465263
      0.0459323506
     -0.2819687078
     -0.0706074230
     -0.9501995996
     -0.0656671844
     -0.1622529901
     -0.4355854873
     -0.2088906103
      0.3345919224
     -0.2490279458
     -0.1554002026
      0.5574434207
     -0.1705111044
      0.5963226909
      0.0176195467
     -0.3134309349
      0.8314198331
     -0.3676537619
     -0.2010049470
      0.0059206445
     -0.1779778948
      0.3477935219
      0.4998925952
      0.5791404803
     -0.4906335842
      0.3338484008
      0.3250496826
      0.1584876144
      0.2385749094
     -0.4467447167
     -0.2319886513
     -0.3272770485
     -0.6827133188
     -0.4769683130
      0.1893357391
     -0.0092504840
     -0.5828419904
      0.2562256847
     -0.5950002102
      0.2158613592
     -0.3048599072
      0.0293176307
     -0.1955637157
      0.0779090522
      0.0565772868
      0.6104818269
     -0.1351254992
     -0.2594129952
     -0.2761129353
     -0.1298222337
     -0.7824295946
     -0.2467538576
      0.2028947007
      0.0080036023
      0.1663627989
      0.8328119665
     -0.1283958845
      0.0664982446
     -0.8633303829
     -0.6498779356
      0.4253111800
      0.0968406644
      0.2321665070
      0.2798818181
      0.1209226372
      0.1180817632
     -0.1645366944
      0.0136976642
     -0.2793719476
      0.2508318390
     -0.1938141884
     -0.3969845441
     -0.0036682618
      0.5522006720
     -0.2632619939
      0.1956178926
      0.1024118914
     -0.1971926145
      0.4498247846
      0.0073337572
      0.4030783121
      0.2981643703
     -0.4782740016
     -0.5781309439
      0.3553011571
     -0.3438590836
      0.4437501147
     -0.2713065968
      0.3484270871
     -0.2987150612
     -0.0005553619
     -0.1110943006
      0.0904409400
      0.2528507149
     -0.3397642164
     -0.0157947755
     -0.0229366626
     -0.1326894582
      0.2947468386
     -0.2144919529
     -1.6660815175
      0.2348114022
      0.4120139474
      0.6793821034
     -0.3916403916
     -0.1874111684
      1.3514293017
     -0.2732875081
      0.5453552060
     -2.7550568622
      0.6509728314
     -0.3180411510
     -0.1477778430
      0.2111830964
      0.8748668517
     -0.9552908392
     -0.4985009895
      0.2161450641
      0.0920799919
     -0.1043497240
      0.4436338206
      0.3093086297
     -0.4060310114
      0.4577707323
      0.7691536921
      0.1691114513
      0.8343043007
      0.1936548488
     -0.5376516372
     -0.9998074897
      1.2435027597
     -1.0010200505
      0.5251013822
     -1.4036267014
      0.6746875227
     -0.4889008135
     -2.4428984967
     -0.1395828729
     -1.6217491698
     -0.0803438962
     -0.6994616607
     -0.4843374129
     -0.1500061591
     -0.4306731048
     -0.2158147685
     -0.2778535199
     -0.2214470628
      0.8747951377
      0.5440265122
      0.4000489480
      0.5684951394
      0.0336929298
     -0.0238645484
     -0.5269006260
      0.4010610732
      0.2007018475
     -0.5220988773
     -0.4043100768
     -0.3537146931
      0.2880426355
      0.2645520355
     -0.0579006958
      0.7169255333
      0.5472320534
     -0.0472671075
      0.2725077152
      0.3533408291
      0.7707830418
      0.0150420572
      0.4350654461
     -0.1369282910
     -0.4974279793
     -0.1358395754
      0.3634774759
     -0.3864772011
     -0.3222164526
     -0.0423926505
      0.7727826797
      0.1921116606
     -0.3076734181
     -0.1430739976
     -0.1776501290
      0.7153097558
     -0.4064782212
     -0.2353806317
      0.5134609548
     -0.0178582500
      0.0364502555
     -0.4884469701
      0.0443636559
      0.0430075595
     -0.1022087550
     -0.0687792191
     -0.0806584406
      0.1567126028
     -0.3271624035
      0.4388025183
     -0.4391861805
     -0.4843299990
      0.5845198576
     -0.4597688807
     -0.1432785866
     -0.3405911835
      0.2032810461
     -0.4120936735
      0.0976542679
      0.0049238773
     -0.2169931970
     -0.3036157746
      0.1705405420
     -0.6422365359
      0.0133022244
      0.0555688555
     -0.1626231660
     -0.3932210762
     -0.4010492553
     -0.1559073793
     -0.2727253679
     -0.3448889692
     -0.4668766534
     -0.4730935302
      0.2917836076
     -0.1753011997
     -0.5546257089
     -0.1837316729
      0.4709661178
      0.4092110405
     -0.5015057505
     -0.3534827087
     -0.1198801893
      0.2936126950
     -0.2440295023
     -0.4043940559
      0.3159361881
     -0.1818025458
      0.4676641490
      0.2873084794
     -0.4647035949
      0.3663423577
     -0.1922624984
      0.2057137753
     -0.2939198008
      0.2945477368
     -0.3740649935
      0.4031886378
     -0.1884820907
      0.2423808640
      0.0479445986
     -0.4578148765
     -0.1433661303
     -0.1696181337
     -0.1870546985
      0.7393597055
     -0.0275399247
     -0.1025875954
     -0.1177871607
     -0.7680178825
      0.5033661292
     -0.5128070133
     -0.0397521295
     -0.5230932299
     -0.1914594175
     -0.4082893726
      0.0059866200
     -0.0045765382
     -0.3390729096
      0.5048058368
      0.2368951938
      0.1520856569
     -0.4899115956
      0.4126110552
     -0.3166181365
      0.4008149804
      0.2635734604
      0.0472892576
      0.1424249576
      0.2168394953
     -0.1470677314
      0.2568484540
     -0.0498693752
      0.5990623741
     -0.2492231856
      0.4996726758
     -0.5919429322
     -0.0869233187
     -0.2696031964
     -0.1994405729
     -0.1795699781
      0.5822570595
      0.1072022181
      0.3407160607
      0.3623183874
      0.6366836110
     -0.3925732623
      0.3282854498
      0.0493121419
     -0.5324589481
      0.5112338484
      0.8924846180
      0.7317293536
      0.3235647990
      0.7111634901
      0.4186056803
     -0.2066810493
      0.1077152323
     -0.0177545391
     -0.2061435590
     -0.0449464596
     -0.6565338938
      0.0400503485
     -0.2101670343
     -0.0058910668
      1.0554066914
      0.0156741852
      0.6051333659
     -0.2731902921
     -0.8013385392
     -0.2579226135
     -0.2415817729
      0.2457996322
     -0.4576923294
     -0.0042932878
      0.9765103745
      0.2113251862
      0.3245790812
     -0.9156955296
     -0.2914987201
     -0.1521512865
      0.7334317222
     -0.2910011814
      0.4318983979
     -0.3690160566
     -0.0578639001
      0.3071341443
     -0.3269963718
      0.5635268678
      0.3887443244
     -0.1195151991
      0.5663653888
      0.3371509863
      0.7069230022
     -0.6522234112
      0.0032187523
      0.3881742191
      0.4787203287
     -0.4492941263
     -0.1742905588
     -0.0222838445
     -0.0151098352
      0.8820755340
      0.6163470581
      0.4638129321
     -0.5816501200
      0.6203631739
     -0.4680622838
      0.0626954081
     -0.7086109185
     -0.3578979223
      1.1239400881
     -0.2503852040
     -0.5476015385
     -0.5803559182
      0.0729883803
      0.5138592829
     -1.4134010766
      0.6152429584
     -0.0018076005
     -0.4101815783
      0.1873440715
     -0.4235811398
     -0.8186469291
     -0.0000944113
      0.1436139361
     -0.6281019814
      0.3975475322
     -0.1452334303
     -0.0634855945
      0.0560862217
      0.6742848404
     -0.1638809061
      0.1218884387
     -0.4164039080
      0.3504928134
     -0.3445264447
      0.3831543071
     -0.6330374954
     -0.5602604716
      0.3918425169
      0.1301455383
     -0.2053583554
     -0.3887290808
     -0.1443581738
      0.0930676810
     -0.4020474445
     -0.0877501792
     -0.0178009144
     -0.0255534678
      0.3269819278
      0.2685226977
     -0.5575419357
      0.6616846699
     -0.3636925442
     -0.4756544941
     -0.1771334796
      0.0609934567
     -0.3315781469
     -0.3595004108
     -0.2137985782
     -0.1797247995
     -0.1180605748
     -0.4300248992
      0.0110464871
      0.3426066035
     -0.4985680965
     -0.2634558425
     -0.2288649284
     -0.0089654037
     -0.6207934048
      0.3353449364
     -0.2473165316
      0.0290555937
      0.0192698123
     -0.5618967235
      0.3604808847
     -0.5327397231
     -0.5293399952
     -0.3692688949
      0.2620382201
     -0.2936778283
      0.0112127911
      0.6709713556
      0.4818922643
     -0.4235480381
     -0.8869004823
      0.5528075725
     -0.4459694859
     -0.8373001392
     -0.0150496438
     -0.4034068290
      0.9564602770
      0.5594253633
      1.3212415837
      0.1161612491
      0.4127857419
      0.3313470537
     -0.5305207853
     -0.6950935044
     -1.3450370836
     -1.3290510184
      1.0100612908
     -0.9608033888
     -0.2136253662
     -0.1031315818
      1.4903472333
     -0.1289631735
      0.1179338709
     -0.0147023818
      0.0477388012
      0.0172142202
     -0.0393228486
      0.3944616448
      0.1562019332
      0.0927279864
     -0.0241654365
      0.0540707883
      0.2198350774
      0.2669621809
      0.0517919325
     -0.0363973389
      0.3560053092
      0.1223259544
     -0.0894557948
     -0.1867494773
      0.0009520190
      0.3433302351
     -0.2132964889
     -0.0454836444
      0.0103924937
     -0.0882354586
      0.0379584732
