     -0.1311753911
      0.1567651047
      0.0709139185
     -0.2407745819
     -0.3928169201
      0.6979287617
      0.0529434320
      0.6841635681
      0.2233617808
     -0.1323346518
      0.1493663047
     -0.4767350008
     -0.1130628055
     -0.5201228193
     -0.2225604329
     -0.4237174903
     -0.2841925843
      0.4560614951
      0.0178887196
      0.2126991119
      0.5960906511
      0.3017441041
     -0.1886134195
     -0.0661227757
      0.0603533210
      0.1527808817
      0.0085405224
     -0.1504595657
     -0.5455047590
     -0.3976381917
      0.4506640777
      0.8864416534
     -0.1803450315
      0.7161998813
      0.5442477336
     -0.8117220911
     -0.2584963806
      0.5516440167
     -0.3445559640
      0.4385543821
     -0.0951511035
     -0.0112153442
     -0.2282764038
     -0.2222897650
      0.2400471361
      0.0076615930
      0.1952712931
     -0.0609715465
     -0.0814465692
      0.1315586203
     -0.0906014988
      0.4010998234
      1.5196866264
     -0.1658889825
      0.2113777444
     -0.4950500316
      0.7405299519
      0.6410828325
      0.6845941065
      0.7003802311
     -0.0853831466
     -0.0012546003
     -0.2350902718
      0.2918906598
      0.1114458542
      1.0914406487
      0.3397600843
      0.2256424025
      0.2557226810
     -0.6675428109
     -0.2927881367
     -0.1161533968
     -0.5857283767
      0.5167766662
     -0.0244882148
     -0.3111434564
      0.2096801504
      0.0497856618
     -0.2161208946
      1.4149986551
     -0.1466252457
      0.1892485295
      0.2332015338
     -2.0038572478
     -0.2210153566
      0.0370156297
      0.0616880853
      0.2490483700
      0.0082824856
      0.3973782456
     -0.1380519157
      0.0362399819
      0.2491133117
     -0.2436346640
      0.2368454327
     -0.1442767481
      1.0281069420
     -0.5410954821
     -0.2372408068
      0.0924128116
     -0.0228208907
     -0.2044958320
     -0.0593223129
     -1.1986206621
      0.5058687066
     -0.6042213410
     -0.3744502030
      1.7455062247
      0.1324555353
     -0.7371055031
     -0.2777111677
     -0.0825392867
     -0.5673786946
      0.2908298716
      0.0647582404
      0.8995965975
      0.1547346548
     -0.3748795983
     -0.3286541002
     -0.5764262009
      0.4738061257
     -0.3600767418
      0.2390762390
      0.8892689714
      0.5098920510
     -0.1422860870
     -0.0326297205
     -1.2731188451
     -0.0001251399
      0.0307433536
      0.4253105264
      3.1065313457
      0.0993232984
      0.0031061208
     -0.5268325288
      0.6605170467
      0.0989535391
      0.3816366635
     -0.1073559242
     -0.5256257087
      0.0319586850
     -0.0845131589
      0.0951664976
      0.1650695242
      0.3755147377
     -0.2968528184
     -0.4200716025
     -0.0883475666
      0.1104508962
      0.1591691180
      0.3220956861
      0.2951745666
     -0.4373413313
     -0.2711999234
     -0.4128612264
      0.0167518715
     -0.4480099015
     -0.2641488676
      0.8162441036
      0.4807177337
      0.3196810902
      0.0614777970
      0.0747015581
      0.3778176265
      0.2263374273
      0.0570915828
      0.0727105727
     -0.1973521431
      0.6496631486
     -2.2788118863
     -0.5534094736
      1.3140497521
      1.1044224432
      0.0150959829
      0.7716850805
     -2.1969415202
      0.0877650873
     -0.4686529007
      0.0521408803
      3.9746074388
     -0.0756058384
     -0.6590206966
      0.5943921682
      0.9325515739
     -0.0697835604
      0.2457193532
     -0.1867108637
      0.5233523943
     -0.5636243425
     -0.8745994144
     -0.0483084832
     -0.0180075675
     -0.0289512846
      0.1437664947
      0.0916667505
     -0.0120518895
     -0.1561533352
     -0.1185255501
     -0.1807050597
      0.1302116155
     -0.3237248085
      0.0787760460
     -0.1425666955
      0.2102101086
     -0.0433424409
      0.1112517902
     -0.1778369945
     -0.0863329654
      0.3998832697
      0.3331978392
      0.0084408672
     -0.0942958680
      0.1844938769
      0.0464182372
     -0.0178933506
      0.0624623860
     -0.1548347110
     -0.4682896496
      0.0116593233
     -0.0869448298
      0.2890310253
     -0.1637781096
      0.3220181719
     -0.0671283716
     -0.2273852344
     -0.0420232178
     -0.2858023587
     -0.2676643769
      0.0143208649
     -0.2144625960
     -0.6928899062
      0.1399199505
      0.4854979432
     -0.1108584197
     -0.1457869878
      0.1885915933
      0.0845133941
      0.1498390572
      0.4485961484
      0.2727442314
      0.2558726378
      0.4716006797
      0.2721851609
     -0.3024354867
      0.4820976399
      0.1377190880
     -0.2654624166
      0.6811948485
     -0.0952983507
      0.4710179875
     -0.0819884447
     -1.0162768228
      0.0914509418
      0.2990315770
     -0.3047077192
      0.2446599487
      0.3003060144
     -0.4447668124
     -0.1306818083
      0.0756147447
     -0.0208924640
      0.6204194893
     -0.0093768871
      0.3453666139
     -0.4571594986
      0.1125553032
      0.5292785654
      0.3350549582
      0.2328850388
      0.3747986229
      0.0767890426
      0.2896095543
      0.5073559717
     -0.5348911233
     -0.0313755138
     -0.1759965793
      0.3689866760
     -0.1840297352
     -0.3370035220
      0.3423235146
     -0.3798102296
      0.0230957327
      0.0731998805
     -0.2709806725
      0.2541890423
      0.4303824133
      0.2453328799
      0.0610484442
      0.4727823109
     -0.2536794126
      0.1272809149
     -0.3263025946
      0.1524020781
     -0.2447761732
      0.5096931436
     -0.2351399200
      0.5365844148
     -0.3145332930
     -0.4540361650
     -0.3435864453
     -0.4026929554
     -0.1171757193
      0.2988477043
      0.3288324063
     -0.0455654088
     -0.1401623708
      0.1525748181
     -0.1100844579
     -0.1849734201
      0.5441246996
      0.4680153629
     -0.0981534681
      0.0933646819
      0.2194120154
     -0.3368335755
      0.2640919210
     -0.0101444720
     -0.3031742771
      0.5901415144
     -0.0856582231
      0.1630472889
      0.3087140752
      0.4311581198
      0.2398585674
     -0.0735715161
     -0.4534555137
      0.2766524249
      0.3444238542
     -0.3466180804
      0.4162711408
      0.1400642179
      0.4197707010
     -0.5175815182
     -0.3862530641
     -0.3619698727
     -0.1572428667
      0.2360503149
     -0.0018710897
     -0.9204949814
     -0.7852339902
     -0.0515029588
     -0.3467133218
      0.5246118520
     -0.3999840623
     -0.4769757523
     -0.0696436408
     -0.0635623592
     -0.3606260055
      0.1146311382
      0.3429210423
      0.2535045638
     -0.2683663074
      0.1339205943
      0.3288353026
     -0.0946358265
      0.2796035148
      0.3423141182
      0.1241984265
     -0.0878160138
     -0.1576894833
      0.3028042533
     -0.0967540497
      0.0822028875
     -0.0213243444
     -0.5549642875
     -0.2502799801
      0.0532012808
     -0.3387997852
     -0.3678354370
     -0.0928209029
      0.2685388138
     -0.5338558884
      0.5363621652
     -0.0939688463
      0.2995476684
      0.1543059911
     -0.4490926236
      0.1173481252
      0.2658552765
     -0.6519471893
     -0.0691272618
      0.3466621246
     -0.5129648107
     -0.2279623355
      0.0477307957
      0.2880459708
      0.6691139920
     -0.2774348881
     -0.0404202958
     -0.0081480381
     -0.1716560756
     -0.3073959459
      0.1258588519
     -0.2462312175
      0.3232232445
      0.0998219982
     -0.3285996418
     -0.2178818559
      0.1270843479
     -0.5698924817
      0.0377271108
      0.0945653636
      0.1582826481
     -0.0618997494
      0.9755047594
      0.3308757680
      0.1180969653
      0.2136019289
     -0.0940610662
     -0.1053650607
     -0.1666145759
     -0.1188296663
      0.2314829634
     -0.2955224577
     -0.0761710614
     -0.3808143407
     -0.2410458268
      0.3945890742
     -0.0126794388
     -0.0094986384
      0.0213593205
      0.2495922384
     -0.2187481745
      0.1161404698
      0.2435375094
      0.0177524664
      0.5180003649
     -0.1736594445
      0.2687147368
     -0.1708803670
     -0.0740441102
      0.1385294530
     -0.2583564592
      0.1756195536
      0.1731984013
      0.1681337443
      0.1381617090
      0.2676038220
     -0.4779088421
      0.0572429071
     -0.4166889089
      0.2109198174
      0.0539883382
      0.2952730857
     -0.1340671443
      0.1079035366
     -0.0054743161
     -0.3032864680
      0.2682041654
      0.6556934748
      0.8613884596
     -0.1545328009
      0.4020342248
     -0.3792459125
      0.1665018470
     -0.2504005926
      0.3559643978
     -0.6553283678
      0.2741201671
      0.0225785193
      0.4339988345
      0.1577901910
      0.0580873789
     -0.5546671758
     -0.3634054623
      0.3293560277
     -0.0398057387
      0.5565601067
      0.3447034406
     -0.3151766891
     -0.3735002948
      0.0901063767
      0.2306592316
     -0.1898746621
     -0.4940758359
     -0.0025811149
     -0.0048013862
      0.2908831212
      0.1351699524
     -0.0790896323
      0.1236379256
     -0.0658088635
     -0.2293660569
     -0.0424370444
     -0.3773600955
      0.1633107753
      0.3704689753
      0.0982467192
      0.1263907958
      0.0720613848
     -0.2148394238
     -0.0724425626
      0.3578808347
     -0.0229896140
     -0.1415299532
     -0.0130340728
     -0.0410112303
      0.0380826785
     -0.0177640681
      0.2805483687
      0.0288373834
     -0.1971778138
      0.1664670759
      0.1123611438
      0.0493453873
      0.5426609289
      0.0106779908
      0.0485890157
     -0.2049588857
      0.1586032147
      0.1388010036
      0.2072268803
     -0.2499151111
      0.0918119185
     -0.2164334351
     -0.3506666521
      0.1201939490
      0.1437172108
     -0.0811483816
     -0.0348526931
     -0.2146501617
     -0.0751253180
      0.8164796887
     -0.0183003863
      0.4124862965
     -0.0228343725
     -0.2269376814
      0.3939622114
     -0.1492439642
     -0.3040210693
     -0.3107252613
      0.1042750497
     -0.0233030205
      0.1063272055
     -0.0160084915
     -0.2176037915
      0.1522309166
     -0.5446509512
     -0.1795700788
     -0.5830058260
      0.0857410234
      0.2884236155
      0.3708407204
     -0.1908247500
     -0.2283559551
      0.1789602646
      0.0566359617
      0.1278262042
     -0.1991743440
     -0.2369307920
      0.0828262420
     -0.1519128464
     -0.1080721731
      0.2006886490
     -0.1711707861
     -0.2157548795
     -0.1049195378
      0.1484131683
      0.0455606110
      0.0692412060
      0.0230644649
     -0.0967104403
     -0.2996396060
     -0.0824750571
      0.4743097437
     -0.2629919259
      0.3639502878
      0.0285726750
      0.1342798212
     -0.1335904193
     -0.1836488285
     -0.2237955967
      0.0409822776
     -0.2082006275
     -0.0219554574
     -0.2062133994
      0.0843448638
      0.0243573931
      0.3226554585
     -0.2899395619
      0.1907334860
      0.6361455724
      0.4405505117
      0.3088156224
     -0.2068532989
      0.1211560736
     -0.1221269784
     -0.4099170518
     -0.2099780520
     -0.6095977688
     -0.0936886068
     -0.1328643384
     -0.1837532178
      0.3689036674
     -0.4797627895
     -0.1938182373
     -0.2858540620
     -0.0721038856
      0.0691440517
     -0.1942552117
     -0.3117850553
      0.2540274255
     -0.0234830129
      0.5269353829
     -0.2487507599
     -0.1335346688
     -0.7759994383
      0.3602769870
      0.6160651500
     -0.2990528506
      0.7215352350
      0.2519348969
      0.1864484851
     -0.0253898867
      0.0943380427
      0.2571054451
     -0.1486517565
      0.1020718338
     -0.1171243469
      0.3068862342
     -0.4284035385
     -0.0235668159
     -0.3373083181
     -0.0657374125
     -0.0329382829
     -0.4241072616
     -0.1245121765
     -0.2903416475
     -0.2876447600
     -0.1103015282
      0.0617613746
     -0.2115252568
      0.2238545762
     -0.2934324660
     -0.0232282446
     -0.1670274985
     -0.6118532377
      0.0917341299
     -0.1900176809
      0.3349051227
     -0.3063777308
     -0.3774505412
      0.4754525569
      0.2329630417
      0.1023175714
      0.2282211407
     -0.0606296829
     -0.0419339516
     -0.2345781804
      0.2337594367
     -0.2142053443
     -0.0624129355
     -0.0428454704
     -0.4569205615
     -0.2775607976
     -0.0290188109
      0.1951735429
     -0.1955382609
      0.5169672348
      0.1067468883
     -0.3498812658
      0.2096755609
      0.2432802251
     -0.2666365089
     -0.0170821197
     -0.4097667498
     -0.0054295080
     -0.0279020009
     -0.3500032084
      0.1383153186
     -0.2502503917
     -0.1858025428
      0.4574996347
      0.0363938377
     -0.1489257213
      0.0462776593
      0.1376502700
     -0.1299221843
      0.0991384141
      0.1669072617
     -0.1502524443
     -0.0310297350
     -0.5691591253
      0.1156532552
      0.1037053523
      0.0594866023
      0.2748784326
      0.2579174594
      0.3988427517
      0.2823825719
     -0.4157672627
      0.1628171775
      0.2895510911
      0.1805156580
     -0.0077146442
     -0.2132800080
     -0.2529234672
     -0.1659213094
      0.0543434551
      0.2865522162
     -0.5603852039
      0.3610696406
     -0.0127227053
      0.2753143677
      0.6296172318
     -0.3847170434
      0.0910748515
     -0.3517824231
      0.0816905535
      0.3743995819
      0.3858767362
     -0.2418656871
     -0.3683418343
     -0.0381355224
      0.3524725608
     -0.1342682986
     -0.4147348867
     -0.4750375483
      0.1038033899
      0.0510112292
     -0.2112691794
     -0.1572854917
     -0.1470476236
     -0.2455026457
     -0.1058053063
      0.2053955165
     -0.2407407116
     -0.0494103374
      0.1119921206
      0.1420390944
     -0.2393427093
      0.2618553371
      0.1014717536
      0.2799732747
      0.1892997301
     -0.1193483131
     -0.2160227132
      0.1774001696
     -0.2276356165
     -0.1109188304
     -0.1574190532
     -0.2348088030
     -0.1294176489
     -0.2108026786
      0.0654996493
     -0.3214569258
      0.1915867379
     -0.1715552097
     -0.0505173117
      0.0762154322
      0.1917996580
     -0.0981692612
     -0.0125308455
      0.1828646527
      0.0985158870
      0.0585798843
     -0.2862975009
     -0.0852063120
     -0.0935777361
     -0.2609178602
      0.1669821513
     -0.1864754876
      0.0932567349
     -0.0549078901
     -0.2183042286
      0.2397972587
      0.1399090132
     -0.1794871764
     -0.0787634778
     -0.1671325532
     -0.0908968369
      0.0311409428
      0.0070757942
     -0.3200622460
     -0.0101540805
     -0.2661853954
      0.2687286363
      0.0912266337
      0.3143577357
      0.1926383922
     -0.2270673109
      0.0249138697
     -0.1149103950
      0.1599698185
     -0.2938572073
     -0.2213215869
      0.2712325280
      0.2838723265
      0.2927406624
     -0.2333283704
     -0.1006137958
     -0.3035222993
      0.1978191572
     -0.1866145392
      0.2271965303
     -0.3152376735
      0.2521905121
     -0.0989009823
      0.1575721995
      0.2579367212
      0.0117512706
     -0.0537221897
     -0.2420572748
      0.2434193024
      0.1081112716
      0.2259508333
      0.2000436862
      0.0942715717
     -0.2906856382
      0.1017394352
      0.1607414442
      0.2412185221
      0.2543728846
      0.0151503922
     -0.2280969165
      0.0052452958
     -0.2396356380
     -0.1395386756
     -0.2521677526
     -0.1102972386
      0.0467423630
     -0.1738826762
     -0.0562901161
     -0.0715395664
      0.2132502431
     -0.1533775080
      0.3079666118
     -0.4528179839
      0.0259004473
     -0.2745391114
      0.2948576138
     -0.2871296902
     -0.1007412510
      0.2883642440
     -0.0618520518
      0.2295818811
     -0.1206447076
     -0.1023438496
      0.2518303839
     -0.3119289296
      0.2533290355
      0.1792499888
      0.1470768996
     -0.2781121627
      0.2073870011
      0.3044345107
      0.1031357367
      0.3810084379
      0.0262870165
      0.1691607350
      0.1741923399
      0.0721545486
      0.0495470120
     -0.0275473517
     -0.1763526203
      0.1065711083
     -0.2568335359
     -0.1722208963
     -0.2277352700
     -0.2125084502
      0.0755340300
      0.0481097086
     -0.2727961187
     -0.3094380344
     -0.2490397333
      0.2775928459
      0.3458093434
     -0.2560350011
     -0.0223962847
     -0.1556154646
     -0.2164894708
     -0.1378521816
      0.1151980902
      0.0895107796
      0.0813048170
      0.2470400746
     -0.1481966914
      0.2385922391
      0.3037155928
      0.2718888434
     -0.1410420247
      0.3072367464
      0.1855394418
      0.2572504718
     -0.1678635897
      0.1748278421
     -0.2797867053
      0.1150604840
     -0.1295593660
     -0.4100163347
      0.1551203607
      0.0322060216
     -0.3106597586
     -0.2781258833
     -0.0898727520
     -0.3248298147
      0.2503092640
     -0.1598157229
     -0.1512981156
     -0.1946634195
      0.3533109699
     -0.3000957848
      0.0127870663
     -0.1945731621
      0.3039412032
      0.2653602297
     -0.0484221154
     -0.3587158947
     -0.1193514345
     -0.0015612076
     -0.1964305455
      0.2888773598
      0.1526557932
     -0.2679165546
     -0.1001187914
      0.1962906084
      0.3599858603
     -0.1033648371
     -0.2161192494
      0.4417327439
     -0.2535082220
      0.0838440356
      0.1548078414
     -0.1722250861
     -0.1480971794
      0.0546700808
     -0.0731034826
      0.3646196542
     -0.0852709166
     -0.2152066209
     -0.0592776060
     -0.1914483186
     -0.3137782342
     -0.3816876629
     -0.3210904959
     -0.1390249777
      0.1215926277
     -0.2007501428
      0.0113658065
     -0.0780742764
      0.0603145848
      0.0813117861
     -0.0376332153
     -0.2751447274
      0.2346536159
     -0.0717973409
     -0.2200252904
     -0.0393861762
     -0.2890287397
     -0.1986178814
      0.0562682082
     -0.1688567898
     -0.0200344091
      0.1941160321
     -0.0351033277
      0.2245817720
      0.1278735882
      0.2206191754
      0.2839790564
      0.2651010343
     -0.2824713443
      0.5070072880
      0.1941546619
     -0.1557463460
     -0.0103256463
     -0.1210142741
     -0.2798946144
      0.2151878860
      0.1163515498
     -0.2216983453
     -0.2694195170
     -0.2227812854
      0.1463746491
      0.2681535872
      0.0399196917
     -0.1698749920
      0.1784620084
     -0.0404837977
     -0.2082333471
     -0.2693375506
      0.2130122268
      0.2609986973
     -0.0519722318
      0.2455626820
      0.0801880652
     -0.1059694069
      0.2183494743
     -0.2498104884
     -0.2760569525
     -0.3489999214
      0.1764249480
      0.0961719910
     -0.2082490008
      0.0225033359
     -0.2672838055
     -0.3516774146
     -0.0130298135
     -0.1872598622
      0.0293547741
     -0.0514900297
     -0.3280795806
      0.0255064513
     -0.0585233731
     -0.1150687368
      0.2127437490
      0.2844368992
     -0.0594833433
     -0.0291889267
      0.0375089216
     -0.0609878150
     -0.2335356189
      0.2733560904
     -0.0159511781
     -0.2707591202
     -0.0685741567
     -0.1475577174
      0.0313926257
     -0.1862982514
      0.0126669717
      0.0238382420
      0.0757215600
     -0.2984675431
     -0.0328628871
     -0.2308656641
     -0.1477615132
     -0.3939201491
     -0.0297828781
      0.3974020971
     -0.1236227587
     -0.2004635536
      0.3399334075
      0.0809147618
      0.0337606304
      0.2269716704
     -0.1760951606
      0.4033792171
      0.0265770693
     -0.2788359381
     -0.1808155027
      0.0869223596
     -0.1545729917
      0.2215121826
     -0.3318568677
      0.5308761867
     -0.0821778086
      0.1845955186
     -0.2056816540
     -0.0097282752
      0.2517331689
     -0.2373988853
     -0.3122423681
      0.2566374417
     -0.2249132931
     -0.4243591623
     -0.1744912666
      0.1784668278
      0.0615307035
     -0.2936149466
     -0.0433762722
     -0.1814587718
     -0.0353094418
     -0.2184719807
     -0.0652078768
      0.0078070750
     -0.1059861936
      0.3142477468
      0.1949471169
      0.0910228585
      0.1541485692
      0.0519936453
      0.2122092811
      0.0114552655
      0.0068027833
      0.0641525000
      0.2420153615
      0.1589903858
     -0.0466350402
     -0.0292437759
      0.2077869195
      0.0374595278
      0.1795946671
      0.0576025518
     -0.1139128731
      0.5173328324
      0.4927217716
     -0.0955182220
      0.0860381423
     -0.5764611793
     -0.1947564120
      0.1498306413
      0.1414201308
      1.2056434713
     -0.1980261211
     -0.1727163071
     -0.5121449726
     -0.2289735491
     -0.0062086553
      0.0014406646
     -0.0967332589
      0.0999656884
      0.1529420084
      0.3162467018
      0.2133481834
     -0.2690502388
      0.7190319024
     -0.5748521590
      0.2155540476
     -0.3601594028
     -0.0328586747
      0.2483130710
     -0.1082715864
     -0.1679192196
      0.3555684353
     -0.2328525383
      0.1364770219
      0.1983316913
      0.1491710661
     -0.8912916482
     -0.0927911642
     -0.3212771415
     -0.0984983147
      0.1853506913
     -0.2199155014
      0.2119669700
     -0.0974582457
      0.0269559380
     -0.0175216258
     -0.0110081989
     -0.4230129308
      0.4933528458
     -0.2527725851
     -0.4418714288
     -0.5724585575
     -0.0188778064
     -0.0237108228
      1.4387037953
     -0.5320440108
      0.2094690159
     -0.0747256238
     -1.9720576291
     -0.1966899357
     -0.0439078009
      0.1065463379
      0.0705294789
      0.0151449534
     -0.3368836233
     -0.2772919323
      0.2049588028
      0.1652594069
      0.3916584661
     -0.1669487229
      0.1982424251
      0.1141069998
      0.1892069449
     -0.2122346851
     -0.1295432708
     -0.3083681162
     -0.1869206150
     -0.0527663036
      0.0410132754
     -0.1590262949
      0.1052154189
      0.2507908373
     -0.0032661885
      0.0274601284
      0.0608057926
     -0.1606120300
      0.0238582227
     -0.2852289303
      0.0575629812
      0.2873968037
      0.2122713974
     -0.1632034842
      0.2360665461
     -0.0725449059
     -0.0973353086
     -0.3046582302
      0.3240378286
     -0.2661680950
      0.1846993739
      0.0814691197
     -0.1178321649
      0.2656176335
      0.3099201755
      0.2620013863
      0.3396032063
      0.1915012760
     -0.2264795423
     -0.0444831704
     -0.1887124516
     -0.2669891539
     -0.2842200368
     -0.2160962730
      0.3014476440
      0.2504252388
      0.1979006449
      0.2937854443
     -0.0943404390
      0.1302313229
      0.1399516441
      0.1348502955
      0.3374713708
     -0.0896128859
      0.0568192695
      0.0045655846
      0.0332606997
      0.0868148242
      0.0372173033
      0.1820565919
     -0.2415528901
     -0.2458690976
     -0.2158590858
     -0.3054255176
      0.2687048003
      0.1590239527
      0.1674631110
     -0.0559273122
     -0.0016757593
      0.1389785925
     -0.0591471321
      0.2309026221
     -0.1900615507
      0.2298210700
      0.2543557672
      0.1402761282
     -0.1886264739
     -0.2433578963
     -0.1377363966
     -0.1540611407
     -0.2074572548
     -0.0973931815
     -0.3820044191
     -0.0630207801
      0.0507628380
     -0.1299980966
      0.3314545530
     -0.1280902012
     -0.2978920502
     -0.2164503232
     -0.2948219991
      0.1738207209
     -0.1002400641
     -0.0042503918
     -0.1406564087
     -0.0811231464
     -0.0257966687
      0.2882782150
      0.2119390758
      0.1531665250
      0.0783459029
      0.2083553529
     -0.2614515260
      0.2461471935
      0.0206100414
     -0.2303234438
     -0.0380055372
      0.0233594978
     -0.1994752037
      0.3344684338
      0.1291196303
      0.0125994538
     -0.1830859005
     -0.2297137469
     -0.1667072923
     -0.0656246367
      0.1847435380
      0.0596306792
     -0.0423241737
      0.1397766456
     -0.1828051455
      0.1152512750
     -0.2003080461
     -0.3061674594
      0.3092384504
     -0.1901941163
     -0.4281132071
      0.0735531703
     -0.0445486199
      0.1432634990
     -0.1706358992
     -0.4055990732
      0.1808610126
     -0.0109357059
     -0.1819904573
     -0.2741370582
      0.0709033824
     -0.0717191816
     -0.3654828669
     -0.1251713990
      0.1848450360
      0.0691025413
     -0.0013212899
      0.1764131082
     -0.1980316462
      0.2938460567
      0.1228857761
     -0.2832065876
      0.4987335342
      0.1989795496
     -0.1728801267
     -0.4537910916
      0.3109335474
     -0.2224235873
      1.1328278853
     -0.0437026279
     -0.0873783212
     -0.3358397690
     -1.1577785079
     -0.0105548276
      0.3142500268
      0.3675318523
     -0.2346236597
      0.3217363528
     -0.2169952349
     -0.0344388927
     -0.3219690327
      0.2905647600
      0.5151084401
      0.2758538797
      0.3969919370
      0.0116431395
      0.9759279587
      0.0307412209
     -1.1769247273
     -0.9689067718
      0.4906886104
     -0.0917626938
      2.3891131881
     -0.8897383994
      0.0443857913
     -0.4137360226
     -2.9712470809
     -0.3294048338
      0.3235991874
      0.3217175516
     -0.0484331037
     -0.1940159403
     -0.4447140675
     -0.3099021585
      0.4854419068
      0.3511835013
      0.3629500744
     -0.2427160096
     -0.1831357750
     -0.0766209350
     -0.0860568738
      0.1566173407
     -0.3459496019
      0.2912070749
      0.1648032476
      0.2543576352
      0.1771888989
     -0.1142315445
     -0.1028977431
      0.1490351825
     -0.2526284219
     -0.0285560579
      0.1812046196
      0.0971334945
      0.0017532060
      0.1043468584
      0.1894134075
      0.2028606418
      0.1840288776
     -0.1256514447
      0.0904077808
      0.0943195847
     -0.1519954097
      0.2546665299
      0.0195473765
      0.0035772710
     -0.1473718024
     -0.0002297265
     -0.1374416268
      0.2501295376
      0.0952678057
      0.0345409260
     -0.2294990884
     -0.0384892852
      0.2858153881
     -0.0426715242
      0.2807172514
      0.1302464885
      0.0428161062
      0.0674747820
     -0.0475943727
      0.1723136665
      0.0264619439
     -0.0639282273
     -0.2337996530
      0.2281067289
      0.2484265840
      0.2066078023
     -0.0782955813
      0.1604238208
     -0.1418625680
     -0.1578109763
     -0.2486745810
      0.1866631879
      0.0500485407
     -0.2755454249
      0.1388531242
      0.0979104225
     -0.8391156109
      0.2766048784
     -0.3293837121
     -0.2664853170
      0.0788007728
     -0.2975047063
     -0.1973789702
      0.3023284065
     -0.1708554296
      0.1355890131
      0.0937072592
     -0.1044418683
      0.1762333700
     -0.0332636924
      0.1816758614
      0.2315245596
     -0.1751034800
     -0.1874081991
      0.2555219984
      0.1012838888
      0.4584244717
     -0.2212299188
     -0.2214262856
     -0.1819595229
     -0.4082443539
     -0.1795605616
     -0.0167786898
      0.3124663460
      0.2959683791
     -0.0540627882
      0.0074579174
      0.2202198948
      0.0873153883
     -0.3340697309
      0.2326359051
     -0.0135341302
      0.2719428204
     -0.1950979459
      0.2218538049
      0.0678966171
     -0.0310226345
     -0.1688095649
     -0.0687644279
      0.1070755226
      0.3110441912
      0.0418479950
      0.3080928201
     -0.0238149028
     -0.1214584701
     -0.2822401159
      0.1204522828
     -0.2045426754
     -0.1448769622
      0.2510411466
     -0.1991644323
     -0.0401731599
      0.1676379232
     -0.2227903213
     -0.0206152334
      0.2196073074
      0.1818889556
      0.1848717106
     -0.3746274780
      0.1786389604
      0.2626621804
     -0.1722959578
     -0.2820594428
     -0.0879971678
     -0.6074989854
     -0.0006102652
     -0.1197321654
     -0.2138146933
      0.7186039520
     -0.1107286700
     -0.0070566450
      0.1373831774
      0.1968139597
      0.0394916294
     -0.2272552002
     -0.1877464821
      0.3118610292
      0.0283158971
      0.0454679068
     -0.2071304884
      0.1264281007
      0.0137062541
     -0.1859827822
      0.0232834057
      0.0411989280
     -0.2188394886
      0.1908167090
      0.0488397806
     -0.4743132197
      0.2313623817
      0.0619663996
     -0.1920585276
      0.4375339883
     -0.1306515985
     -0.6216223394
     -0.2326833765
     -0.2189080529
     -0.1083833695
      0.0305504049
     -0.2479353841
      0.0991702944
     -0.1396480204
     -0.2266761679
     -0.0093067944
      0.1385257670
     -0.0701275798
      0.1471128975
      0.2488681669
      0.3648674580
      0.2590481315
     -0.0126628667
      0.2249177622
      0.1545564260
      0.2841917970
      0.0510562665
     -0.0949995807
     -0.0193197094
      0.1495905829
     -0.2140280809
     -0.0711087599
     -0.3097167540
     -0.0218567710
      0.1982862046
     -0.2905273931
      0.2947141779
      0.0081695692
      0.0722537351
      0.1112622326
     -0.0735452507
     -0.2023655831
      0.3060816600
      0.5862113229
     -0.4923270415
     -0.9172381161
     -1.0032323639
     -1.2132496436
      0.1254246894
     -1.0282594049
      0.0050986246
     -0.3629709042
      0.6246779671
      1.4502863105
     -0.1853748410
      0.6369343526
     -0.1409512977
     -0.7262052081
     -0.6189585543
      0.0256490911
      0.4915152084
      1.8048722498
     -1.0692837372
     -1.1647940856
      1.3105540155
      0.6701169860
     -0.3952101921
      0.3271321785
      0.0670426877
      0.1296992364
      0.0792006095
     -0.6444423174
     -0.1756396740
      0.2875807663
     -0.1825678541
      0.3961819824
     -0.0562059123
      1.0288648706
      0.1096648587
     -0.3183458777
      0.0658597112
     -0.0649407921
     -0.2934782968
     -0.5358682708
      0.3093219714
     -0.5192141608
      0.3337801851
     -0.4160207738
      0.6357064001
      0.1688414057
     -0.1287881496
      0.0870564976
      0.4009472557
     -0.5745019770
     -0.4920152230
      0.3226964238
      0.7970937837
     -0.2476328739
      0.1185323216
      0.0926076267
      0.7724661299
     -0.2660466690
      0.3179981151
      0.9136863679
     -0.6746273200
     -0.2523563104
      0.3965357421
     -0.1645732388
      0.5243182992
     -0.9242541926
      0.3055107449
     -0.6572062754
     -0.1015653103
     -0.0818496149
      0.0189055033
     -0.1551451936
     -0.5718521865
      0.2624684534
     -0.9537437056
      0.7434851331
     -0.0467443814
     -0.1755707511
      0.5575651195
      0.3324999293
      0.5643952408
     -0.1598346998
      0.3856894674
      0.4159773843
     -0.6492251307
      0.1793053344
      0.3843319342
     -0.4759299099
      0.7485257507
      0.0200351585
      0.3532120310
      0.1317928651
     -0.2232179027
     -0.4213799026
     -0.7437878000
      0.2386936716
     -0.1411964808
     -0.1497407422
      0.0150306494
     -0.2598944545
     -1.4281753663
     -0.6128337699
      0.0476614964
      0.2551780916
     -0.2358316884
      0.1697687913
     -0.0927410098
     -0.1736986719
      0.5708084226
      0.4452926011
     -0.2810925813
      0.1568215655
      0.5595434836
     -0.1541901647
      0.0073964349
      0.3074276130
     -0.0055097032
     -0.1942442483
     -0.2673828508
      0.1763970309
      0.0879557437
     -0.2517433789
      0.7113833341
      0.2024779484
     -0.8786732868
      0.1998309008
     -0.4656754993
     -0.5712064177
      0.2602817179
      0.3758636989
      0.0276599887
     -0.3684712622
      0.1373691721
     -0.1657535531
      0.4219531657
      0.4836024271
      0.2221726485
      0.6321306269
      0.3992929851
     -0.3200496446
     -0.1215085295
     -0.5526749981
      0.5221280883
      0.0712605739
      0.2962533656
      0.5564910868
     -0.8051308487
     -0.2937070359
     -0.2402144037
      0.1388583549
     -0.0680717661
     -0.5200493598
      0.0372606225
     -0.0325147810
      0.6444542477
     -0.6362699120
     -0.7539077089
      0.1463948323
      0.6131711441
     -0.5799452461
      0.2586414789
      0.2005525698
      0.1630909072
      0.1683072968
     -0.1404735944
     -0.3195708757
      0.1098778440
      0.0676364723
      0.3950933342
     -0.1869629028
      0.5183557730
     -0.1458752787
      0.1580675496
      0.1520116746
     -0.3039054734
     -0.0432073816
     -0.7781984499
      0.7120304640
     -0.4108367068
     -0.0852712853
     -0.2368650501
     -0.1622270818
     -0.0667546857
     -0.2263829234
      0.1738456920
      0.6325210120
     -0.6204329771
     -0.2465861847
      0.4027347435
     -0.1154585835
     -0.4028594586
      0.2139054663
      0.0426215248
      0.6186083351
     -0.9712378217
     -0.3850162429
      1.5520270163
      0.3461379875
      0.1151955568
     -0.1919313246
      0.1667955961
     -1.0143740820
     -0.3633905205
      0.1363813237
      0.6635131521
     -0.4065085453
     -0.3137734027
     -0.2392552166
     -0.1037004863
     -0.6156984930
      0.8576281615
     -0.8227615827
     -0.4737932718
     -0.3744759406
      0.3265215706
     -0.4706286568
     -0.5600798664
      0.4098587464
     -0.6668588691
      0.4096715866
     -0.3105021348
      0.5169172370
     -0.4119711556
     -0.2625052097
     -0.1507442523
      0.0638316170
      0.0302691303
     -0.6393921195
     -0.0499829854
      0.5753758984
     -0.4442408665
      0.3239066540
     -0.0007721269
     -0.2790933489
     -0.2082954168
     -0.2635050361
     -0.1521573550
      0.0670077363
     -0.7454305533
     -0.0658406722
     -0.1146744448
     -0.0016249374
     -0.1140168676
      0.1952797378
      0.4578554891
     -0.4376290310
      0.1176115574
     -0.0381727300
     -0.4811134604
     -0.9492248025
     -0.0000948884
     -0.4196208869
     -0.0234765619
     -0.5146588351
      0.4446054828
      0.2389728455
      0.2528868260
      0.5533307793
      0.1385135445
     -0.0400295100
     -0.5930261628
     -0.6274218259
      0.1531593790
      0.2827306872
     -0.5818624934
      0.5965131146
      0.6905596478
     -0.4301743805
     -0.0170339095
     -0.3676914136
      0.5604924288
     -0.3219941855
     -0.7258038426
      0.2142210836
      0.0812101124
     -0.1736861340
      0.0313104882
     -0.3056481922
      0.2764581022
      0.1090316751
      0.5022975124
     -0.4966653298
     -0.1276668772
     -0.3043198915
      0.2597496333
     -0.4658900361
     -0.1670132215
     -0.5365204232
     -0.7528954879
     -0.3650151445
      1.4152688805
     -0.1189428403
     -2.3370739293
     -0.1551425412
      0.1905119380
      0.0948867745
      0.6243616078
      0.6920825313
     -0.0123557191
     -0.3537302425
      0.3387036590
      0.9373468525
     -0.2289750345
      0.6650642706
      0.4710839450
      0.7146209153
     -0.1541353561
     -0.4263484980
      0.2537694064
      0.4068648013
      0.5125167996
     -0.4574491461
     -0.0394702647
      0.0066162204
      0.6975957111
      0.1289723003
      0.0511556728
      0.4071951131
      0.3124366390
      0.3831552659
     -0.0386270350
      0.4811631603
     -0.5931754273
     -0.1173429786
     -0.0762294550
     -0.2451602372
      0.2881569411
     -0.2798748320
      0.4366596519
      0.2002425634
      0.2932109403
     -0.3303773184
      0.1389800103
      0.5268459689
      0.2240317083
     -0.3619304650
      0.5816281792
     -0.5593448703
      0.1706970101
      0.5041073085
      0.3320862831
      0.2332527944
      0.5302543704
      0.1890321067
      0.1269293617
      0.3143087503
     -0.3311604739
      0.0550777000
      0.2697896276
     -0.2983001704
      0.1005154617
     -0.1975813190
      0.5376498398
     -0.3926187188
      0.2052811051
      0.0241025967
     -0.8081597963
     -0.0437846842
      0.2380179187
      0.4078975881
     -0.4435759912
     -0.5303737218
      0.4904488289
     -0.2803374824
     -0.1984819839
     -0.5609654918
     -0.2557943149
     -0.4315756752
     -1.2576394804
     -0.3239956718
     -0.4642290564
     -0.2415361120
      0.0928145248
     -0.2008339130
     -0.4721916241
     -0.0960942657
      0.4538709826
     -0.2384680817
      0.2832457095
      0.9888957227
     -1.0630313533
     -1.0808694721
      0.5292827894
     -0.2425392847
     -0.4884040828
     -0.1364507007
      0.6048427702
     -0.8720678363
     -0.9195582545
     -0.3221266601
     -0.2936698884
      0.1531439464
     -0.1333251368
     -0.5906921491
     -0.3714778208
      0.1156877155
      0.1158495536
     -0.3074077704
      0.0143034441
      0.3015495027
     -0.3830118692
     -0.7286644045
      0.7033350601
      0.0543640558
      0.4636337682
     -0.1861309525
      0.1334634806
     -0.5311078658
     -0.5284751698
      0.3486926499
     -0.2499622137
      0.1704125295
      0.2082142550
     -0.1481598579
      0.1534162891
     -0.0927932841
     -0.8677155981
     -0.0723665475
     -0.1361419078
      0.0192802853
     -0.3936885097
      0.5474364951
      0.2350829142
     -0.7278495506
     -0.1576323473
      0.2423391047
     -0.6116638078
     -0.3066261520
      0.0575466806
     -0.3489031726
      0.1486100769
     -0.2481833965
     -0.6657371509
      0.5455740237
      0.2692563814
     -0.6936037904
      0.2017714052
      0.0711008490
     -0.4572415945
     -0.3535120540
     -0.4577373030
      0.5729064298
      0.0788038358
     -0.4553675556
      0.4533701892
     -0.3883711844
     -0.5666336902
     -0.0078520687
      0.0274242658
     -0.9670639119
      0.2147749162
     -0.8438833212
     -0.2889037030
     -0.3447461415
      0.1845525219
     -0.4761125425
     -0.1610723166
      0.1651676737
     -0.3329590682
     -0.0360662287
      0.2662437617
      0.1784004389
      0.2540951412
      0.2666894747
      0.3663467041
      0.5982154853
     -0.3714654461
      0.1860678077
     -0.0859877185
      0.3104774500
     -0.1747264076
      0.4212829806
     -0.0003460882
      0.2374822401
     -0.0873934441
     -0.3626759426
     -0.6041552390
     -0.5516382675
     -0.5149848152
     -0.7398824437
      0.1348113680
     -0.3192046668
     -0.6453790453
     -0.2399083883
      0.1112463982
      0.6510906030
      0.0428789289
      0.6109081888
     -0.0324166806
     -0.0890341948
      0.7485229591
      0.5057811830
     -0.6779702071
      0.0741171690
     -0.6776194685
     -0.2861024773
     -0.1300161548
      0.2326523164
      0.2280386625
     -0.2807139014
      0.6940241825
      0.3996850472
     -0.2635487306
      0.4341085593
     -0.2294603652
      0.0758168187
     -0.4492919864
     -0.3733875344
      0.7074962413
     -0.1395552321
      0.2770951727
     -0.0994674512
     -0.5308729364
      0.3002885783
     -0.7385332599
     -0.4199719742
     -0.3780282924
     -0.2368511931
      0.0765872063
     -0.3635781594
     -0.5175857053
      0.3336419470
      0.2060422506
      0.4379995650
      0.0307844385
     -0.0334513681
      0.3462025006
     -0.1664242046
     -0.4328328843
     -0.1462608332
     -0.7344166606
     -0.0385336149
      1.0370972455
     -0.0386510597
      0.3617204664
      0.2774822684
      0.4653295888
      0.3237382434
     -0.3320924685
     -0.5177642780
     -0.2530187979
      0.0717763693
      0.1735120820
     -0.8695354698
      0.3723135830
     -0.0496300272
     -0.4698261102
      0.0089615048
     -0.3398643768
      0.2164965333
      0.3395372983
      0.4916751294
      0.2897650869
     -0.1532651798
      0.6603500105
     -0.5181911551
      0.2812956487
     -0.3090332634
      0.4021584668
     -0.4308422054
      0.0213643318
     -0.2990816968
      0.4269371341
      0.2111426096
     -0.2234020198
      0.1931236057
     -0.1724536486
      0.1693848324
      0.5176788040
      0.1160142575
     -0.6703221352
      0.2611884281
     -0.0647760404
      0.5535535288
      0.6169237615
     -0.3740026986
     -0.2297400329
      0.2493676449
      0.3653261257
     -0.5640029458
      0.4099782044
     -0.3629774143
      0.4630035398
     -0.3438666242
     -0.2098548128
      0.2548936522
      0.1395095639
     -0.1961618099
      0.4642968275
      0.1066585453
      0.2398666253
     -0.4928629275
      0.6446565199
      0.2824397120
     -0.5453738481
      0.1994920531
     -0.6009050216
     -1.1031054616
     -0.7329177680
     -0.7072097587
     -0.2124553349
      1.0143035228
      1.2395294943
      1.1190656075
      0.8103968705
      0.1862042618
      1.2545480363
     -0.6120345238
     -0.1125681027
     -1.2108590592
      0.4289945389
      0.4689425490
     -0.0764977411
     -0.2627101421
      1.1589668440
      1.0317487472
      0.8084121852
      0.9813179502
      0.1106252461
      1.1606285143
     -0.0880841558
      0.0950326320
     -0.0596377140
     -0.0198233513
     -0.1909723985
      0.0223225659
     -0.1699154002
     -0.0564045032
     -0.3228262007
      0.0153491282
      0.2170764592
      0.0938710942
     -0.0850598869
      0.2911592914
      0.1502402973
     -0.0707588603
     -0.0930984460
      0.1064520232
     -0.0722598267
      0.4577504526
     -0.0450051878
      0.1535151881
      0.1079530488
     -0.0393410464
      0.0620061254
     -0.2278841536
