     -0.3103299078
     -0.0572299992
     -0.4722889992
      0.0809013552
      0.2092206525
      0.0376949383
     -0.1926216335
     -0.1044687403
      0.2453652432
      0.1273133626
      0.0206186610
      0.2495556563
      0.1721095841
     -0.2956465354
     -0.2068212582
     -0.3992472050
     -0.1212844182
      0.3089838125
      0.0183832689
     -0.1700992045
      0.3959591369
     -0.0405822627
      0.1596980286
      1.0666227631
     -0.1688254306
     -0.1906451099
     -0.0124324567
     -0.1910985118
      0.3397929445
      0.0706559292
     -0.0466707264
     -0.1229300008
      0.0433558966
      0.0064634936
     -0.2558595023
     -0.0030932021
     -0.1127350076
      0.1786453579
      0.1175044286
     -0.5129227223
     -0.2043062905
      0.1170968920
     -0.1068024265
      0.1987257251
     -0.0312597856
      0.1264892856
      0.2878359107
      0.0323310705
     -0.2054451212
      0.0497057407
     -0.2852564251
     -1.1548548926
     -0.5439155652
     -0.2772394672
      0.0673980854
      0.3189773175
     -0.4492165911
     -0.5094102688
      0.3857598710
     -0.0277156942
     -0.1005257720
     -0.0019190820
      0.1610864677
     -0.0403089416
     -0.0709269123
      0.5128399195
     -0.0832354531
      0.2436974116
     -0.1016495818
     -0.5888175878
     -0.2155889000
     -0.1189320420
     -0.4664444450
     -0.0166852527
     -0.0424043288
     -0.2363951077
     -0.1443944964
     -0.2296009009
      0.2392441955
      0.3380139701
     -0.3866800151
     -0.2582763121
      0.0497398633
      0.0288813306
     -0.3653139016
      0.1959458575
     -0.0272990842
     -0.7936217602
      0.1247282142
      0.0469930785
      0.1456188270
     -0.0454027624
      0.1120420665
      0.3556704475
      0.1231852351
      0.0180782576
     -0.6747420003
      0.0443088785
     -0.1076736128
     -0.7486471034
     -0.2263561303
      0.0813329641
     -0.1670612150
      0.5280843829
     -0.1237807003
     -0.4428882366
      0.2924253242
     -0.4609501404
     -0.1228229286
      0.0892496289
      0.0713964827
     -0.4379211527
     -0.0849174501
      0.2821432198
     -0.1369660927
      0.1953717072
     -0.0701615007
     -0.3886898028
     -0.1000408064
      0.0954719571
     -0.1749693964
      0.4197598209
      0.1184290903
      0.4182927945
      0.2251161608
      0.3199616448
     -0.2766852204
     -0.0818589915
     -0.2980438619
     -0.1766651932
     -0.0232828468
      0.2049420091
      0.2509782334
     -0.0501003004
     -0.0700339571
     -0.2457319861
     -0.5211464468
     -0.1287910535
     -0.2185420192
     -0.2876328472
      0.3787025034
      0.3630318553
     -0.8769809666
     -0.0933043507
     -0.2141798322
      0.3394146040
      0.3937195512
      1.2908113358
      0.0289150325
      0.0600954301
     -0.2769403041
      0.1847980541
     -0.6568736781
      0.0209934967
      0.0370939046
     -0.2191426568
      0.5902674688
      0.0143066634
     -0.3643873982
     -0.7893046736
     -0.0413551432
     -0.7752150574
     -0.1718747660
      0.5823774903
     -0.0659054728
     -0.3359472391
     -0.4683462089
     -0.0288206793
     -0.4884721332
     -0.2448872698
     -0.0909756827
      2.7185875405
     -0.3743925214
     -0.0226120728
     -0.0566445200
      0.2486126842
     -0.7310995215
     -0.3264668996
      0.2356053431
      0.6889884522
      0.1008331268
      0.0191987195
     -0.1951168240
     -0.3938197346
     -0.1337362520
     -0.6993011274
     -0.2057805430
      0.3442632250
      0.2011419232
     -0.3471758307
     -0.6909052193
      0.4730992416
     -0.3063255263
      0.1129704630
      0.5770446408
      0.8801254136
     -0.1653197069
     -0.0968953816
     -0.1832915643
     -0.2246577950
     -0.6148031306
     -0.0120055562
     -0.2053730137
     -0.0910058053
     -0.1100579390
     -0.3056675989
     -0.7147650691
      0.1222007431
     -0.4817377921
      0.0695560000
      0.2053510899
      0.1331750827
      0.2997212584
     -0.0723082718
     -1.4576849845
     -0.1594986965
     -0.5415094235
     -0.1909918942
     -0.1271388702
      0.0850515509
     -0.0783708101
      0.3192354404
      0.0937405986
      0.0263611162
     -0.0850516404
      0.1127964887
     -0.0989463179
      0.1246611105
      0.2023432260
     -0.0880865974
     -0.2101461431
      0.0302200365
      0.1460445194
     -0.2824796398
     -0.1094854984
      0.0163615146
     -0.5520319531
     -0.0245007522
     -0.2379279048
      0.0218302400
     -0.5219189727
      0.2474755864
     -0.1668174380
     -0.1865797684
      0.1690438719
     -0.1414747874
      0.1889635462
     -0.0887319893
     -0.0321298108
     -0.2472722092
     -0.0205225989
     -0.1237145340
      0.0378721936
     -0.1634512433
      0.0997662860
     -0.0980799423
      0.2175266440
      0.2784015993
     -0.4712329745
     -0.1457585231
     -0.1955741551
     -0.1502887012
      0.1180477591
      0.3563507988
      0.1648238007
     -0.1545663069
     -0.3708970309
     -0.1679399455
     -0.0769348863
     -0.1143973155
     -0.3456049425
     -0.2424373860
      0.1458160826
      0.3524122331
     -0.3557187168
     -0.2732442231
     -0.3194353537
      0.1865817999
     -0.2445874015
     -0.0323037523
      0.3860268729
      0.3485507370
     -0.2418597827
     -0.5555165483
     -0.1366044762
      0.1268569431
     -0.1701182625
      0.0202738995
      0.2152609829
     -0.1517447712
      0.2400263027
     -0.2271956739
     -0.0835677222
      0.0148733190
     -0.0452339933
     -0.2221108767
     -0.2930985555
      0.4764607355
      0.0724928621
     -0.0328677193
     -0.1570587506
     -0.1610173464
      0.0815774838
     -0.3490807423
      0.0745683521
      0.2744326036
     -0.1408975608
      0.0306072582
     -0.0974866118
     -0.1902982338
      0.0831981989
     -0.0538727158
      0.5552738222
      0.0706667161
     -0.1695639183
      0.0573544319
     -0.4337159290
     -0.0932149848
     -0.0201558489
     -0.0922562129
      0.0332816021
     -0.3012169677
      0.4859729213
     -0.0806264247
      0.4857476175
      0.2401472431
     -0.0756309888
     -0.0640491492
     -0.4574894279
      0.1704606915
     -0.1172006882
      0.3868990216
      0.2194718213
      0.0917331458
      0.1452116091
     -0.4016805953
      0.1725060589
      0.2814830151
      0.2329543637
     -0.0961283496
     -0.1443198738
      0.0663350072
     -0.2484335516
      0.1516378095
      0.0311580733
      0.0129272813
     -0.0333035479
     -0.2559747813
     -0.2079829996
      0.0228853084
     -0.0541294992
     -0.4078255530
     -0.3970783410
      0.3261324557
      0.2096741959
      0.1872266132
     -0.1363232267
      0.0375717900
      0.0681155289
      0.1440248163
      0.2337156973
     -0.0904445876
     -0.1786907984
     -0.4059869125
     -0.0088063408
      0.1706171420
     -0.0341497497
      0.1653510476
     -0.1259123786
      0.2261318270
     -0.0615162621
     -0.1552023684
      0.1191275531
      0.4215069290
      0.0165251678
     -0.3540209193
      0.0415684985
     -0.1515436113
     -0.0996471073
      0.2561441330
     -0.0952051591
      0.3501507564
      0.1325800370
      0.2206476666
      0.4139780963
      0.1213926040
     -0.2594831056
     -0.2160764534
      0.0496487946
     -0.1195446129
      0.1436533501
      0.0482797419
     -0.3365786272
     -0.2913579431
     -0.1362476318
     -0.0231449194
     -0.2086141768
     -0.3428928795
     -0.1493280708
     -0.0348322567
      0.4871906695
      0.4520068103
     -0.4853947359
      0.1438462649
      0.0950569612
     -0.1485840458
     -0.2229510010
      0.1227828841
     -0.3825466671
     -0.0420865065
     -0.1486514675
     -0.6582052818
      0.0862383112
      0.1289060809
     -0.1130841194
      0.0873455986
     -0.5619564435
      0.0295694155
      0.0480963954
     -0.0721588350
      0.4136273634
     -0.0193015141
     -0.2717161802
     -0.1951920466
      0.1933690641
     -0.1854455420
      0.0034516068
     -0.0772675407
     -0.4944333330
      0.0492423027
      0.6067548859
     -0.3413333830
      0.3285453758
      0.2160375383
      0.0721300815
      0.1834301948
      0.0871626216
      0.1484084131
      0.0570054006
     -0.0368856044
     -0.4147951957
      0.2926902055
      0.3782213421
     -0.1176289055
      0.1305520814
     -0.2086944147
      0.2580245976
      0.2337205569
      0.1898073570
      0.1738667394
     -0.0654116076
     -0.4462080531
      0.1223232239
     -0.1505292719
     -0.3417546132
      0.2665663028
     -0.1865768372
      0.0127644980
      0.1915502394
      0.2461156158
     -0.1366002513
      0.3135410362
     -0.0587735998
      0.2374579039
      0.0754045795
      0.5060956430
     -0.0618062728
     -0.2529417335
     -0.5083841097
     -0.1947878059
     -0.0476954619
      0.4505700325
      0.2130872502
      0.1577866154
      0.1861850243
     -0.5522236446
      0.0982720625
     -0.0847393831
      0.2486677621
     -0.3511788920
     -0.2906936517
      0.1762125385
      0.5575455143
      0.2510066510
     -0.2747245925
     -0.0463406683
     -0.1711310643
      0.3300998256
     -0.0267402549
      0.2768205512
     -0.2189137285
      0.2052824921
      0.0563553441
      0.1009477269
      0.0644904919
     -0.0290045650
     -0.4260427411
     -0.0152214987
     -0.0091802187
      0.0699363908
      0.1413891941
     -0.2732445102
     -0.1510851659
      0.3289178103
     -0.0855353002
      0.3802245401
      0.1149208440
      0.6371226923
      0.0134302476
     -0.4356967328
     -0.3980670489
     -0.3430119423
     -0.0103707844
     -0.1465650753
      0.0726647500
      0.0642492544
      0.0956396992
      0.4386886875
     -0.3375670636
      0.3278330688
      0.3972365777
     -0.1993784457
     -0.0812663733
      0.1469553697
     -0.3075982874
     -0.2532548344
      0.0929165306
     -0.4988303071
     -0.4309437186
      0.2691554505
      0.4002361579
     -0.8461189098
      0.0684286926
     -0.5103946426
      0.2456275210
     -0.1771523861
      0.0371637339
     -0.3162500064
      0.0721260864
      0.1978730333
      0.0895346579
      0.2241432860
      0.2737349588
     -0.0919307007
     -0.0076936320
      0.0355626032
     -0.0972139894
      0.3090761041
     -0.0940205551
      0.1284272459
      0.3573845895
     -0.3413079478
      0.3646334784
      0.3611949524
     -0.1329852140
      0.0649729316
      0.0052742805
     -0.0887749773
     -0.2479411530
      0.1204090176
      0.2810398718
      0.5724540048
      0.0820558287
      0.1748069141
      0.4432956842
      0.3323082960
     -0.0199071884
      0.0524317745
     -0.2439188325
     -0.0540466868
      0.0879922139
      0.1596213515
      0.2839689928
     -0.1932318443
     -0.0782998119
      0.0878677184
      0.1503967906
      0.3247178714
      0.1217542030
     -0.0121839134
      0.0080862135
     -0.5645914888
      0.0653673599
      0.0854591630
      0.1494020704
      0.1921219169
     -0.0755683381
      0.0135364873
     -0.0255408173
      0.1367877513
      0.1816543031
      0.0303305978
      0.3308054095
     -0.0748209162
     -0.0199153204
     -0.1854336685
     -0.0614203064
      0.2366791203
     -0.1322801331
     -0.1158563670
      0.0598022166
     -0.1908209324
     -0.0392025931
      0.0773201782
     -0.0150772450
      0.2753552233
     -0.1476144113
      0.1005822389
     -0.2402792819
     -0.1065798565
     -0.4511475484
      0.2240379827
     -0.0774941877
      0.0604682353
      0.2580058455
      0.4193177090
     -0.4393088272
      0.3896845871
      0.8038587191
      0.0125080968
      0.5601883793
     -0.0567765551
      0.1812908552
     -0.2225375800
      0.0252893508
     -0.0863962676
     -0.0003353442
      0.3042806945
     -0.3927842294
     -0.1044424265
      0.1009698225
     -0.2781542818
      0.4060718350
      0.1187671264
     -0.1943777415
      0.1106741554
     -0.0948013872
      0.1391395618
     -0.3733537188
      0.3182299521
      0.0179519984
     -0.0196603091
     -0.2649467127
     -0.0328673378
     -0.1194881803
      0.2344437663
      0.2365423155
     -0.0399901093
     -0.1269603386
      0.3400487578
      0.1399427851
      0.4966003572
     -0.0546848087
     -0.1936666392
     -0.0968635689
     -0.0877173842
      0.0125002908
     -0.1944030602
      0.0049768704
      0.2860205681
      0.0756622913
      0.2269259482
      0.0266016700
     -0.1301739777
      0.0222707712
      0.0167184636
     -0.5315419079
     -0.0158218778
      0.0420922847
      0.1305032195
     -0.2059250135
      0.2334368202
      0.2970196803
      0.0087820600
     -0.2574292035
     -0.1055735522
      0.1032988620
      0.1712697393
     -0.2429822791
      0.2481244240
     -0.0550935684
     -0.0958926300
     -0.1174084244
      0.3775896131
     -0.0232211447
      0.0792025793
     -0.0854606945
     -0.2503019498
      0.0103732780
      0.1938994827
      0.4956038905
     -0.0909460834
      0.0079116099
     -0.5177865702
     -0.1018614615
     -0.2600219238
      0.3910937506
      0.0813113765
     -0.0686973559
     -0.1799794599
      0.0495543388
     -0.0607651874
     -0.0293340916
      0.0284930261
     -0.0287464348
      0.2859074110
     -0.5653033427
      0.0907822135
      0.1482976675
      0.0657358203
      0.0367877755
     -0.4806411959
     -0.1873891714
      0.0682122430
     -0.0339998295
      0.0699762290
     -0.1489476286
     -0.1304252974
      0.0890585404
     -0.2031156818
     -0.0558736601
      0.4121258383
      0.1276768090
      0.0537149717
      0.2382783782
     -0.1834970589
     -0.1506053993
     -0.5413742335
     -0.2475146479
     -0.2982628784
      0.1084505944
     -0.1692772978
     -0.2634527417
     -0.1126728237
      0.0945236126
      0.0253368744
      0.3334010160
      0.1059033956
     -0.2912896563
     -0.4152641613
      0.1539109524
     -0.1899635733
     -0.3796608436
      0.7931206967
      0.2534316226
     -0.4959996732
     -0.1015203256
     -0.1218099864
     -0.0531316516
      0.1778993372
     -0.0903223701
     -0.1060180274
     -0.2698073822
     -0.3761471774
     -0.2742897436
      0.2494823408
      0.2569306379
      0.0356997422
      0.2138373569
      0.0237699175
      0.2187405485
      0.0579725624
      0.2659250081
      0.2562553936
      0.1004862722
     -0.2074352013
     -0.1410796980
      0.1806894628
     -0.2243537194
      0.0673127243
     -0.2726293594
     -0.2993187650
     -0.1332924761
     -0.1434921270
     -0.2950946994
     -0.0215106221
     -0.2636505071
      0.2309001533
     -0.1847584993
     -0.1671381297
     -0.2735579202
      0.0727525871
      0.1499891295
      0.0461759819
     -0.0160899215
     -0.1450399762
      0.1520126499
     -0.2612699110
     -0.2538622238
      0.2354649255
     -0.2243169304
      0.6821960077
     -0.0841382607
      0.3202868331
     -0.3363898638
     -0.2907202246
     -0.2988881228
     -0.1038794861
     -0.2393541545
      0.0615891373
      0.2866299571
     -0.2452234105
     -0.1840113259
     -0.1478024599
      0.1241422981
     -0.0264640376
      0.1343925265
      0.2337875207
      0.2821063909
     -0.0383648437
     -0.2287426512
      0.1344827431
     -0.0585835188
     -0.1384054790
     -0.0840867025
      0.2348113064
      0.2396641228
     -0.0309581610
      0.0051091633
      0.1892493603
      0.2410778503
     -0.2066571829
     -0.0721997062
      0.2796560379
     -0.0728731515
      0.1799471758
     -0.0379109805
      0.2527806219
     -0.2831213682
     -0.0187326035
     -0.1857510829
     -0.2394729837
     -0.1435984976
     -0.2632720203
      0.2824020899
      0.2709122959
     -0.2747341739
      0.3094329870
     -0.2378365902
     -0.2612104301
     -0.0051558718
     -0.1438376256
      0.1954612707
     -0.2887399619
     -0.0653854867
      0.0503965079
     -0.2174657297
     -0.0005636159
     -0.2685530534
      0.2966906420
     -0.2360756892
     -0.1816711312
      0.1252583041
     -0.1781607657
      0.3088850074
     -0.2147757545
      0.0873853361
     -0.1530370634
     -0.0235480179
      0.2385981989
     -0.2950392112
      0.1304321954
      0.1849206757
      0.0305647163
     -0.1265712536
      0.2950131686
      0.0496212575
     -0.3248878790
     -0.2617892568
      0.2550033434
     -0.2825733356
      0.0333020546
     -0.0976841143
     -0.0139698031
      0.2688021150
      0.1101428642
     -0.1839601894
      0.2095326950
      0.0359988312
     -0.0099575436
      0.0659712966
      0.1390348940
     -0.1469278225
      0.1580949510
     -0.2280279068
      0.2778201307
     -0.3036038332
      0.0916326796
     -0.1793881879
      0.0060551817
     -0.0228222209
      0.0561021967
      0.0608265702
      0.2364892990
      0.1788285200
      0.2736890035
      0.0735285487
     -0.0973371040
      0.1895695332
      0.2726194032
     -0.2703861816
     -0.2288492417
      0.2183615843
     -0.1113437830
      0.2216213126
     -0.3515735000
     -0.2863162089
     -0.1410595967
     -0.2354358605
     -0.0206794198
      0.4726605397
      0.1372845721
      0.2298507114
     -0.1122342092
     -0.1134472271
      0.1640272068
     -0.2388859289
     -0.2779371777
      0.1615942065
      0.1848934249
     -0.2055961834
     -0.1994512922
      0.1016127609
     -0.0381513149
     -0.0689167687
     -0.3023583411
      0.1901006667
     -0.0901610037
     -0.3076134970
     -0.1877745931
     -0.0190863818
     -0.1606298524
     -0.0211077697
      0.0774366723
     -0.0430705083
     -0.2823799900
     -0.1775479663
     -0.1307913146
     -0.2709037262
     -0.1525078551
      0.1475862814
      0.1116710623
      0.1356408259
      0.1337643271
      0.0989305890
      0.0430223386
     -0.2066109293
     -0.3239193446
      0.1244776439
     -0.2290723199
      0.0734987019
     -0.2093071100
      0.2923280699
      0.3439567237
      0.0140095243
     -0.1257041780
      0.2622634857
     -0.2545280686
     -0.0954548139
     -0.2788011422
      0.0832873257
      0.0489707915
      0.0926050468
     -0.0925529436
      0.3260511712
      0.2358538279
      0.1548132947
     -0.1091205060
      0.0075040866
      0.1647563154
     -0.2664546745
      0.0020303885
      0.1303348162
     -0.1390141933
     -0.1363758429
     -0.2603537509
      0.2394914363
     -0.2966545077
      0.0566274954
     -0.0509326971
      0.1354841830
     -0.1066171015
     -0.0654743123
     -0.2399283594
     -0.1184192901
     -0.1130692963
      0.0340762693
      0.2826354025
     -0.0567300358
     -0.2040572140
      0.3281196427
     -0.2938331711
      0.2178504442
      0.0039361734
      0.2050350382
     -0.2523115589
      0.2335482733
      0.2211048182
      0.0192148758
     -0.0084700062
     -0.0074249142
     -0.2278964770
     -0.0836129242
      0.1688417167
     -0.2410585969
      0.0730698309
     -0.0559626476
     -0.1382669729
     -0.0402724226
      0.1684465554
     -0.3054682451
     -0.5533098032
     -0.3590222798
      0.2308928320
     -0.0671518663
     -0.2193864753
      0.6119601623
      0.0944216397
     -0.1792722588
     -0.0021600491
     -0.4941189383
      0.1728897842
     -0.0807023362
      0.0748683597
      0.0716924575
     -0.0336703439
      0.1983617382
     -0.0832999351
     -0.2980824672
     -0.0063298158
      0.2708173139
      0.2882241995
      0.0674750121
      0.1131374742
     -0.2426376519
     -0.1417699942
     -0.2767546289
      0.1939427669
      0.0902974689
     -0.2697171507
      0.2516067754
      0.0386544599
     -0.0645196835
     -0.0135851072
     -0.4340492009
      0.2813956835
     -0.1454502998
     -0.3402035713
      0.0917269588
      0.3218546185
      0.1112935383
     -0.1216445030
      0.0808820725
     -0.3727677836
      0.0064985479
      0.1380785786
     -0.0149364284
     -0.0590027214
      0.2009466169
     -0.4012840199
      0.0671923487
     -0.3215183859
     -0.2148090696
     -0.0475147056
      0.0351439181
      0.3209672893
      0.1283556527
      0.4113633846
      0.1439370802
     -0.0458091392
     -0.5299461198
      0.2436518914
     -0.0146328065
      0.2773735139
      0.1382467551
     -0.1745722662
     -0.2776917811
      0.1465396540
      0.0282929254
     -0.4735430617
      0.1964856916
      0.1401043093
      0.0292216538
     -0.1180381301
      0.1110803174
     -0.0073125173
     -0.0970476909
      0.0646780089
     -0.0363218056
     -0.1206004726
      0.2093597727
      0.0360437546
     -0.1789593585
     -0.1308967678
      0.2376468490
      0.4692987069
      0.0121196319
      0.3604902055
      0.0118708151
     -0.3534683842
     -0.1508325069
      0.3839172071
     -0.2247223987
     -0.1757126082
     -0.1019080319
     -0.0006895059
     -0.3408652125
     -0.1846244645
      0.3321600294
     -0.1995103449
      0.1481396434
     -0.0504714390
     -0.1193935648
     -0.2716192860
      0.2769597858
      0.1100067050
      0.4170065239
      0.1094164666
     -0.1976650584
     -0.1278937589
     -0.1451524504
     -0.0289813039
     -0.0070060142
      0.3162359399
      0.0838933697
     -0.2505685514
     -0.2559962295
     -0.2147372113
      0.2111101174
      0.2430150634
     -0.0133666062
      0.0180122782
      0.1960948678
     -0.1336565674
      0.2428243001
     -0.0517695938
      0.0119826650
     -0.2082896453
      0.0759958034
     -0.1808444436
     -0.0621619847
      0.0979567827
     -0.0235601813
      0.2504422124
      0.1853531377
      0.0516280094
      0.2231533457
      0.0311564254
     -0.2418642762
     -0.3275446780
      0.1823149962
      0.1833666644
     -0.0751867797
      0.1590984895
     -0.1168254147
      0.0279944705
      0.1161725390
      0.1977404168
     -0.3057435638
     -0.2597504352
     -0.2298506820
     -0.1965326892
     -0.2299093599
      0.3256729328
      0.1359336797
      0.2481621013
      0.1567996420
     -0.1456506910
     -0.1900423582
      0.2920131834
      0.0956957732
     -0.2376314788
     -0.0100855407
     -0.1192925338
     -0.0906871286
      0.0789240547
     -0.2323417318
      0.3182516322
     -0.1475028875
     -0.2113286389
      0.2943044087
     -0.0948992258
     -0.0567423700
     -0.3029322171
     -0.0344828013
     -0.1963845624
      0.2395739950
      0.1826807213
     -0.1189540920
     -0.0208191497
      0.3172591262
      0.2641004344
      0.1765781543
     -0.1592425236
     -0.1026875192
      0.2618533568
      0.1966077172
      0.2686737668
      0.0118944413
     -0.2589397610
      0.2805666239
      0.1341812654
      0.2972728385
      0.1320767574
     -0.1906758124
      0.2321545880
      0.2742389204
     -0.1923069459
      0.0227495056
      0.0103250960
     -0.2610239117
     -0.1275274636
     -0.0017766260
      0.2747072940
     -0.2569221715
      0.1680992552
     -0.0882113233
     -0.1353969564
     -0.2606849745
     -0.2362538962
      0.0991678142
     -0.2276808690
      0.0600056235
     -0.2683677636
      0.0361289895
      0.0005129850
     -0.0086340038
      0.1399970277
      0.0089032937
      0.2444880399
      0.1599625078
      0.2954463464
      0.2430254456
      0.2238833189
      0.1210036019
     -0.2789214250
      0.0459782548
     -0.1754327221
     -0.3369367529
     -0.0444381975
     -0.1056386021
     -0.1050275220
     -0.2212138603
     -0.1445522679
     -0.1751515234
      0.1234093451
     -0.0332559703
     -0.0904868176
      0.1051836182
      0.0078083460
      0.0742431528
      0.4002956806
     -0.0703108122
     -0.0360971015
      0.0480471409
      0.0949977706
     -0.0166750513
     -0.1262353805
     -0.1793356105
      0.0322600072
      0.3996355314
     -0.2714936696
     -0.3953454753
     -0.0711899299
      0.2287973359
     -0.2133024795
      0.1188819321
      0.3222698051
     -0.2234186023
     -0.0318296484
     -0.3404835075
      0.2160336322
     -0.0118160744
     -0.3027432613
      0.1610681402
     -0.3723967479
     -0.0472630649
      0.0057524331
     -0.2229094402
      0.2241801176
      0.1162920348
      0.2616212490
     -0.0010397738
      0.3521569878
     -0.2346085528
      0.2617332363
      0.2233864512
      0.0873769103
      0.1048238032
      0.3562820411
      0.2255858559
      0.0922222048
     -0.0962162004
     -0.1661896267
     -0.3711502804
     -0.2622622370
      0.1974879763
     -0.2741464025
      0.2444313388
      0.2053911033
     -0.3341072582
      0.1875147404
     -0.0262075403
     -0.3183626651
     -0.0041078917
      0.0528917582
      0.1813994956
     -0.2224528987
     -0.2403527332
     -0.2795450393
     -0.0592781272
      0.1699140357
      0.1002569501
      0.1644499325
     -0.0036543076
     -0.0399142149
      0.0680574776
      0.0599682552
      0.2626373434
     -0.2457331697
     -0.2250163243
     -0.2798399226
     -0.0340678568
     -0.5864730478
      0.0035768212
     -0.1920211713
      0.1864689150
      0.3465856652
      0.1386329822
      0.2763935566
      0.0536156387
     -0.0480306210
     -0.2403016606
     -0.2392383620
      0.1145965576
     -0.1922065601
     -0.1028699431
      0.1005229991
      0.2466671125
      0.1539964157
     -0.2774778048
      0.3805809826
      0.2325646390
      0.1030089653
     -0.0998198233
     -0.2194026416
      0.0252866775
     -0.3801758887
     -0.0640734028
      0.0579358856
     -0.1735114630
      0.2069512562
     -0.3185695277
      0.2514591620
     -0.3237694665
      0.0074961254
     -0.1562753225
      0.2080019254
      0.2134929505
      0.0406261156
      0.3317972373
      0.1647628222
     -0.1459114733
     -0.2003366015
     -0.3440611686
      0.0875845098
      0.1733402853
     -0.1986060988
      0.2538277831
     -0.0836362394
      0.3113405544
      0.2225759858
      0.1704775603
      0.1148947864
      0.0049798108
     -0.1111078601
     -0.2708219258
      0.2167246558
     -0.2339978815
     -0.0615371007
     -0.1579221311
      0.1742772094
      0.2319803573
      0.2486802263
     -0.2554758965
      0.1288085855
      0.2624334308
      0.1690348023
     -0.0557937217
      0.2333839743
     -0.2473406645
      0.2228007577
      0.1571878216
     -0.2629106536
      0.1614680899
      0.1676780170
     -0.2897405471
      0.2371232449
      0.2379853203
     -0.0355626317
     -0.1288360825
      0.2598297307
      0.2511565127
      0.2570776467
      0.2155121001
      0.2889315356
      0.2350760926
      0.0565226653
      0.1463002318
     -0.0901711801
      0.2613228310
     -0.0794551051
      0.0952052034
      0.0427434199
      0.3244313090
      0.1046171959
      0.0297019060
      0.0405362987
     -0.1715979892
     -0.1076998906
     -0.2285287825
      0.1643693134
      0.1738466461
      0.2306022698
      0.2704915128
      0.0672025491
      0.0372442817
      0.0041714839
      0.0805461773
     -0.3113736401
      0.0696063829
     -0.1901692809
     -0.1700371748
     -0.1246353786
     -0.0417591835
      0.1795522678
     -0.0089722301
      0.2739250560
      0.2429602935
      0.0432515954
      0.3250853942
     -0.0068363102
     -0.3142251064
     -0.1473235638
     -0.3129904377
     -0.0859091225
      0.0462823709
      0.0940474179
      0.1288360173
     -0.2986946646
      0.1669736732
      0.0056215639
     -0.5544417166
      0.0200816369
      0.1472613042
     -0.2057834712
     -0.1714715755
      0.3946891894
     -0.2876778354
     -0.2480519793
      0.2411695856
     -0.0102627128
      0.4771834169
      0.1896346101
     -0.0329987925
     -0.1852877818
     -0.0699009762
     -0.0379993752
      0.1314208755
      0.2235755291
      0.3014838444
      0.2874572444
     -0.2507113313
      0.2706111535
      0.2539596374
      0.0008636472
     -0.2770675254
     -0.0976477870
     -0.3565400631
     -0.0764783125
     -0.1984588686
      0.3583845870
     -0.2010158068
      0.1055902253
      0.1829445422
     -0.1945215782
     -0.3038402470
      0.1002762326
      0.2029473428
      0.2034202710
     -0.0345027486
     -0.1447937066
      0.3682912283
      0.2602603481
      0.0544809116
      0.0552948469
     -0.0715457400
      0.1208434740
      0.2985780735
      0.1006378842
      0.2414365908
      0.2162949777
      0.0472723149
     -0.3266939133
     -0.0378079568
     -0.0451826943
      0.1404026147
     -0.2381706258
      0.1199905969
     -0.0538928513
      0.1887438875
      0.1273150429
      0.2140173175
      0.0497486186
     -0.0538754678
     -0.1681331561
     -0.1175877070
     -0.0981520005
      0.1314210785
      0.0142271673
     -0.3286383651
     -0.0034783023
     -0.0013172527
     -0.3958149700
     -0.2026958423
     -0.2317772566
     -0.2627705101
     -0.0017849275
      0.1794037119
      0.3130908037
      0.1136551841
     -0.0848130859
     -0.2910428453
     -0.1211975730
     -0.0162371255
      0.1696462651
     -1.1955499553
      0.8244007959
     -0.2192486699
      0.1939058115
      0.3940721746
     -0.6106093668
     -0.9731497870
      1.1006733435
     -0.0130194795
      0.6487181096
      1.2744018916
      0.4670766498
     -1.0739687032
      0.7398723035
     -0.5434814387
      0.8812926612
     -0.2268661802
      0.2924894385
     -1.0288529161
      0.8271727534
      1.0435169091
      0.0514254284
     -0.2471539283
      1.0890294511
      0.5065017599
      0.3746328007
      0.4047155830
     -0.5933203054
      0.1079905077
      0.1040346955
      0.5331483800
      0.0995058445
      0.4241172916
      0.3552345868
     -0.2307383066
      0.3058512495
     -0.1670727588
     -0.2752184760
      0.2317850736
      0.7965964082
      0.5515230851
      0.3329984902
     -0.4713509624
      0.3407510581
      0.3996278752
      0.2102002155
     -0.4027474763
      0.2785535515
     -0.3065852572
     -0.3210142961
     -0.3483733368
     -0.3759380179
      0.4637503314
      0.5241425213
      0.3351954856
     -0.5347848103
     -0.3396861420
     -0.3332210922
      0.5137840609
     -0.2927995531
     -0.2911196907
      0.0451945736
     -0.3794049847
     -0.4465542187
     -0.1087287059
      0.3880416188
      0.5339126868
      0.5603848128
     -0.0972848848
     -0.3020160778
     -0.5018893862
     -0.4609512806
     -0.2337926615
     -0.2795392309
     -0.0764640314
      0.1721646993
     -0.3024057411
     -0.5321419265
     -0.3462036846
     -0.0126846955
      0.6053449395
     -0.1256698746
      0.4412271611
     -0.5252302436
      0.2202178266
      0.8263922128
      0.8564218296
     -0.5640678489
      0.1924914003
     -0.3637168161
     -0.4859203401
      0.0988646101
     -0.2189005974
      0.3922858704
      0.6671774101
     -0.0529273773
      0.5836674811
      0.1469577933
     -0.1226072496
     -0.8026867816
     -0.9682009025
     -0.1333384660
      0.0077835858
     -0.7505351636
      0.8857632829
     -1.2380809213
      0.4044420305
     -0.2275980487
     -0.1341380386
      0.2344022244
      0.0533591717
      0.9319961279
     -0.3443452193
      0.5581097530
     -0.3820035661
      0.6719486740
     -0.7319917549
     -0.0111200741
     -0.3007828293
      0.9001363634
     -0.1685108733
     -0.3175574537
     -0.2496087629
      0.5588312784
      0.5823271739
      0.2393285546
     -0.0156923578
     -0.0661704487
      0.2730466266
      0.7110771150
      0.1047326440
     -0.4809706766
     -0.4837206531
      0.4321843890
      0.0254552613
      0.2864438506
      0.1259609485
     -0.3490239095
     -0.7368059033
      0.1731846206
      0.2894706906
      0.2578894701
     -0.3903745303
     -0.0916302877
     -0.0187564143
     -0.2026500225
      0.2772015289
     -0.8437603452
     -0.6093463630
      0.1174267781
      0.3556477050
      0.5362592356
     -0.0311387803
      0.0696184945
      0.1664550121
     -0.3602113808
     -0.3844462399
      0.4716728520
      0.8462490741
      0.0812613409
     -0.1677847739
     -0.0786095618
     -0.3011746054
      0.5445359638
     -0.5204976330
      0.1434922091
     -0.3686730359
      0.0633740976
     -0.0270494746
      0.0585617745
      0.3547797528
      0.0568519187
     -0.2255909811
      0.0275164095
     -0.2585127796
      0.4596110189
     -0.3639371649
      0.5144434487
      0.0575318508
      0.0961092836
     -0.2747942723
     -0.1219716986
     -0.5176908682
     -0.5327588657
      0.0910624349
      0.1598401837
     -0.4184506826
     -0.0910288399
      0.0523014956
      0.5617931175
     -0.0405615323
     -0.6040252513
     -0.2775125823
      0.4281252049
     -0.2662183733
      0.4963677395
      0.3107087058
     -0.1211593554
      0.1482002811
     -0.6730798107
      0.1533503825
     -0.5147555484
      0.1311676814
     -0.1451794265
      0.6070407464
     -0.8642312522
     -0.6900687589
     -0.1741237215
     -0.4277647048
      0.4204913116
     -0.0374541189
      0.4338270948
      0.2856236329
     -0.1522727157
     -0.1724506434
     -0.1286766754
     -0.1743679871
     -0.6173625842
      0.5589219754
      0.5076809094
      0.5498305919
      0.3970390488
      0.8530556084
      0.5411038464
     -0.3706856149
      0.8378534715
      0.3313615439
      0.7023331122
      0.6104516457
      0.0302030870
     -0.1288249945
      0.1723151116
      0.0929749467
     -0.2646918039
     -0.3436767075
      0.2002971941
     -0.4316996905
      0.5006385454
      0.6958973754
     -0.1149654643
      0.1249498237
      0.2080134946
     -0.1577016833
     -0.0340706491
     -0.1524271492
      0.2977202862
      0.3224368362
      0.8432932704
      0.6023300904
      1.1054785210
     -0.4639007585
     -0.0213917719
      0.1966778962
     -0.2708071132
      0.1636330114
     -0.1392298011
      0.4647855526
      0.5053466625
      0.2935110824
     -0.3470170667
     -0.3960428540
     -0.4993002791
      0.2753830360
     -0.5501670224
      0.4186032681
     -0.1606657790
      0.5728850922
     -0.9746706664
      0.6259033380
      0.5958786619
      0.1982611018
     -0.0421572274
      0.5759290924
     -0.0653521183
      0.6232168731
      0.5684967806
      0.0116413867
      0.6051774320
      0.4233561990
      0.2619297948
     -0.8192919098
      0.1514612024
     -0.0861088303
      0.1588880853
     -0.2707431108
      0.5100605507
      0.3480094395
     -0.1602345059
     -0.4269840296
      0.3232172885
     -0.4852346153
     -0.0535571306
     -0.2447243536
      0.4255971525
      0.5025768050
     -0.3641309743
      0.6022840947
      0.2495575554
      0.4697787681
     -0.2481123563
     -0.1852409136
      0.3559667744
     -0.3150121430
      0.3281959060
     -0.1094634446
      0.5237526243
     -0.2556574483
      0.0419144233
     -0.1554668330
      0.4498310584
     -0.0009739227
      0.5552227996
      0.4944354111
      0.6328898613
      0.4903095890
      0.4563296278
     -0.1242046874
     -0.4416113330
     -0.3095995563
     -0.1554645252
      0.4182656996
     -0.8541105708
     -0.1804756677
     -0.1918188698
     -0.5519498277
     -0.2663717992
     -0.1598958867
     -0.2321619503
      0.3752443785
      0.0016412828
      0.3401595272
      0.0768889471
      0.3076548211
      0.1522079603
      0.1904329815
     -0.1085337520
      0.4130161176
     -0.5780843155
     -0.1811826434
     -0.5061301815
      0.0908746744
      0.3758241626
      0.4651791596
      0.2970970082
      0.3221396833
      0.1021970594
      0.5847016641
      0.0683634243
     -0.4370020624
      0.0185605173
     -0.1456294991
      0.1722810731
     -0.5101831136
     -0.0607379371
      0.4396216355
     -0.3035597287
      0.1652453451
      0.2634596494
      0.4864637748
     -0.3229869310
      0.4251081647
     -0.2501314576
     -0.5136161016
      0.1632413876
      0.5409327570
     -0.0638338212
      0.5972566909
     -0.1259880949
     -0.3247969425
      0.0017620347
      0.1959824891
      0.1936244134
     -0.1577576848
     -0.4467971738
     -0.2604440886
     -0.3120460757
     -0.3168348116
      0.2512302631
      0.5999807630
      0.1899120402
      0.0925468348
      0.2501458947
      0.0494502385
     -0.4019314762
     -0.0290346180
     -0.3281223527
      0.1446990189
      0.6536838011
     -0.1994206299
      0.1201185584
     -0.1279584446
     -0.0700900405
     -0.2745799712
      0.5755528149
     -0.6291225124
     -0.1190430904
     -0.3208825419
     -0.3024131530
     -0.0155691386
     -0.2767271039
      0.1259515837
      0.6327771244
     -0.0153186416
     -0.1952699382
      0.4383300486
     -0.2714123203
      0.4851731996
      0.3103067549
     -0.4818691757
     -0.4860429637
     -0.5605199601
     -0.0112445374
      0.0337103949
      0.5385077869
     -0.1352137238
     -0.2372581550
      0.1292544939
     -0.1034293964
      0.4535380511
      0.1350953431
      0.0862804277
     -0.2636359021
      0.1800955781
      0.1381659882
      0.6024430175
     -0.0623050100
     -0.3384790931
      0.5913715894
      0.6789282970
     -0.1150920571
      0.1226196941
      0.1167289959
      0.3025263143
      0.5688295484
     -0.1021606080
      0.2549865067
      0.2646595500
     -0.2394811049
     -0.1146739803
      0.2086298126
      0.0626828911
      0.0929257095
     -0.2397318322
      0.2449190788
      0.4422628194
     -0.8838006587
      0.0748623338
     -0.2582633312
      0.5405663046
     -0.7072468773
      0.7209742564
      0.5546592188
     -0.3882470238
      0.1978576078
      0.2540816142
     -0.0323909489
      0.4900542694
     -0.3741686282
     -0.0157917377
      0.3495390000
     -0.2491417415
     -0.5654676712
     -0.0314582103
     -0.4927804925
      0.3279902653
     -0.5755516063
      0.1085598883
     -0.7167053872
      0.5348046408
     -0.1034986860
     -0.1750925709
     -0.2149687625
     -0.4232632392
      0.5582102656
     -0.4239130212
     -0.7425393409
      0.1396922759
     -0.4532646953
     -0.2580893913
     -0.0554714029
     -0.1158425441
     -0.5202407337
     -0.6396378969
     -0.1506335641
     -0.0379346858
      0.1757346602
      0.2634982901
     -1.0093983535
      0.5776103980
      0.1930711668
      0.2719708143
     -0.5324349668
      0.1734248306
      0.6084718956
      0.3307313739
      0.2321283454
     -0.6924210124
      0.2436465923
      0.4114484297
      0.1372322994
      0.4163494389
     -0.5023661296
     -0.0645313146
      0.4305794418
      0.3394266345
     -0.4478495687
      0.1546681834
     -0.7195793625
     -0.3461138198
      0.0844630990
      0.0691438399
     -0.3572148231
      0.4365370212
     -0.1559950789
      0.4806725365
     -0.4006892337
      0.3888030781
      0.1856667469
     -0.7296015164
      0.7308203584
      0.1031644988
      0.0548929952
     -0.5448604311
     -0.5378918985
     -0.6796597953
      0.0112645494
     -0.4206423318
     -0.3274243259
      0.5830432307
      0.1611452840
     -0.3018717922
     -0.2645647829
      0.1039726822
     -0.5137589642
      0.2501052093
     -0.4244359868
      0.5331244532
     -0.4184550539
      0.5533403973
     -0.0734711587
      0.2786202787
     -0.5464841000
      0.1478769096
      0.3811100241
      0.1276590777
     -0.9310888236
     -0.4262568271
      0.1385638473
      0.0327134266
      0.4373859796
      0.5580802966
     -0.3142105088
      0.0221368296
     -0.2592109177
      0.1432762079
      0.2823705219
      0.3706695417
      0.7673899850
      0.1672820671
      0.1961644535
     -0.1495442797
      0.7351221258
      0.4714457756
      0.4056998609
      0.6104523481
     -0.3210881674
      0.3959407793
      0.6759818215
     -0.0597735882
     -0.3298022382
     -0.0435268489
     -0.5711784418
      0.2179588409
      0.4433118671
     -0.4620477255
      0.3470652981
     -0.0783421988
     -0.1037216409
      0.1885882561
      0.0840923245
     -0.8435846874
      0.0980562058
      0.2225269932
      0.4017485734
     -0.5746506413
      0.3713638681
      0.6346213755
     -0.3004993096
     -0.1103066158
     -0.3990326404
     -0.3845659528
      0.3690555089
     -0.2029181849
      0.8294749978
      0.2607048970
      0.9980792250
     -0.5613334944
     -0.2024087531
      0.3414892317
      0.0130402860
     -0.8224298300
     -0.5814555706
      0.8359538225
     -0.8904385164
      0.2474386714
     -1.1711969835
     -0.8706290904
      1.3465253216
      1.3119188433
      0.2482858824
     -1.3780929162
      0.2695521760
     -0.7907417593
      1.5694637032
      0.8003697747
      0.8077266985
     -0.2372490083
     -0.5343721190
     -0.8433064264
      1.0794272823
     -1.0362392266
     -1.1522186865
     -1.3577350454
     -1.4365866722
      0.0016035597
      0.0415288420
      0.1298429777
      0.1696000117
     -0.0393406972
     -0.1137960784
     -0.0573415528
     -0.0798109449
      0.2963851494
     -0.1643437659
      0.1464015024
      0.0500002661
     -0.2350431108
      0.3039309444
     -0.1236298946
      0.1716106296
      0.0679235287
      0.3212785160
      0.0596963926
      0.0654999718
     -0.0124218013
      0.1181851012
      0.0179362611
      0.1261101481
     -0.2054589767
