################################################################################
# Neural network connection values (weights and biases).
################################################################################
# Col  Name       Description
################################################################################
# 1    connection Neural network connection value.
# 2    t          Connection type (a = weight, b = bias).
# 3    index      Index enumerating weights.
# 4    l_s        Starting point layer (end point layer for biases).
# 5    n_s        Starting point neuron in starting layer (end point neuron for biases).
# 6    l_e        End point layer.
# 7    n_e        End point neuron in end layer.
################################################################################
#                      1 2         3     4     5     6     7
#             connection t     index   l_s   n_s   l_e   n_e
############################################################
  1.1304405250433550E+01 a         1     0     1     1     1
 -8.7727775267609847E+00 a         2     0     1     1     2
 -6.3312380501426846E+00 a         3     0     1     1     3
  1.1085407859172076E+00 a         4     0     1     1     4
  6.1851896104842297E+00 a         5     0     1     1     5
 -3.7218167043460360E-01 a         6     0     1     1     6
 -9.8968736054855044E-01 a         7     0     1     1     7
 -1.2609883204018338E+01 a         8     0     1     1     8
  7.6010936004330558E+00 a         9     0     1     1     9
 -1.5364406389154498E+01 a        10     0     1     1    10
 -2.5813148866008024E+00 a        11     0     1     1    11
 -9.3203612070923125E-01 a        12     0     1     1    12
 -4.4150771886800194E-01 a        13     0     1     1    13
  4.0240991658576055E+00 a        14     0     1     1    14
  7.2715442587148233E+00 a        15     0     1     1    15
  3.3095780664224104E+00 a        16     0     1     1    16
 -6.3718527969578096E+00 a        17     0     1     1    17
  9.6383337442607908E-02 a        18     0     1     1    18
  9.7028908795010000E+00 a        19     0     1     1    19
 -8.8561293072502423E+00 a        20     0     1     1    20
  7.1264224445799265E+00 a        21     0     1     1    21
 -9.2788996991840857E+00 a        22     0     1     1    22
  1.0572309486245361E+01 a        23     0     1     1    23
 -1.1211671362645816E+01 a        24     0     1     1    24
 -5.1712858794598615E+00 a        25     0     2     1     1
 -1.8383364089963442E-01 a        26     0     2     1     2
  5.7281033000738732E+00 a        27     0     2     1     3
 -2.2977584466839351E+00 a        28     0     2     1     4
 -3.0377814171372202E+00 a        29     0     2     1     5
  8.4251333461999778E-01 a        30     0     2     1     6
  7.1918503132287526E-01 a        31     0     2     1     7
  3.0952013842516970E+00 a        32     0     2     1     8
 -5.2006114253579941E-02 a        33     0     2     1     9
  7.9120007687938365E+00 a        34     0     2     1    10
  1.0604432688608880E+00 a        35     0     2     1    11
  2.4275909943186718E+00 a        36     0     2     1    12
  8.6724932772583541E-01 a        37     0     2     1    13
 -2.1869950496530670E+00 a        38     0     2     1    14
 -7.2398895364163818E-01 a        39     0     2     1    15
 -1.4543549725423182E+00 a        40     0     2     1    16
  4.2048416441277409E-01 a        41     0     2     1    17
  1.7524640230484365E+00 a        42     0     2     1    18
 -4.0153416639705428E+00 a        43     0     2     1    19
  4.4621885035011104E+00 a        44     0     2     1    20
  1.2394793022866071E+00 a        45     0     2     1    21
  3.3037770665687911E+00 a        46     0     2     1    22
 -2.8569494212075099E+00 a        47     0     2     1    23
  4.2391542172538816E+00 a        48     0     2     1    24
  3.5673617007978636E-01 a        49     0     3     1     1
 -4.2345051230682479E-01 a        50     0     3     1     2
  1.5363976907946075E+00 a        51     0     3     1     3
 -1.4620888729322907E+00 a        52     0     3     1     4
 -6.6515012451644329E-01 a        53     0     3     1     5
  8.5579337211561068E-01 a        54     0     3     1     6
 -1.7526408569323861E+00 a        55     0     3     1     7
 -8.4861804198374668E-01 a        56     0     3     1     8
 -1.0112706180295423E+00 a        57     0     3     1     9
  1.0735315290747829E+00 a        58     0     3     1    10
  1.8391307785023900E-01 a        59     0     3     1    11
  3.0710286457060704E-01 a        60     0     3     1    12
 -4.8091902650127183E-01 a        61     0     3     1    13
 -8.6725445747169128E-01 a        62     0     3     1    14
  8.8223459186623143E-01 a        63     0     3     1    15
 -6.0843719177537614E-01 a        64     0     3     1    16
 -5.2578300786581378E-01 a        65     0     3     1    17
  6.9147366170793367E-01 a        66     0     3     1    18
 -1.5893083436636706E+00 a        67     0     3     1    19
  2.6224743154947515E-02 a        68     0     3     1    20
  9.4469099560105785E-01 a        69     0     3     1    21
  1.9494529169789874E+00 a        70     0     3     1    22
 -9.5807821542687488E-01 a        71     0     3     1    23
  5.5437172018382364E-01 a        72     0     3     1    24
 -3.1868463637726596E+00 a        73     0     4     1     1
 -1.4157908115798539E+00 a        74     0     4     1     2
 -8.6053954354866236E-01 a        75     0     4     1     3
 -9.3784337346470648E-01 a        76     0     4     1     4
 -3.2953132060920138E+00 a        77     0     4     1     5
 -1.3280786868995444E+00 a        78     0     4     1     6
  2.4811414371627807E+00 a        79     0     4     1     7
  1.4979304394216777E+00 a        80     0     4     1     8
  1.1461428577914867E+00 a        81     0     4     1     9
  4.3827878295894679E-01 a        82     0     4     1    10
 -3.8535180740294117E+00 a        83     0     4     1    11
 -1.6769099383725456E+00 a        84     0     4     1    12
 -2.2809724253449040E+00 a        85     0     4     1    13
 -1.1139133863147990E+00 a        86     0     4     1    14
  7.4955113487021929E-01 a        87     0     4     1    15
 -2.4805279258071931E-02 a        88     0     4     1    16
 -1.0124939823884962E+00 a        89     0     4     1    17
  3.9461960495077070E-01 a        90     0     4     1    18
 -4.2318066991089254E-01 a        91     0     4     1    19
 -4.0878892051152711E+00 a        92     0     4     1    20
 -3.5302526639030631E+00 a        93     0     4     1    21
  6.9630815910278565E-01 a        94     0     4     1    22
  3.7975269366552942E+00 a        95     0     4     1    23
 -6.5749312464733878E-01 a        96     0     4     1    24
 -6.5786982394139673E-02 a        97     0     5     1     1
 -8.0108775775955716E-03 a        98     0     5     1     2
 -1.5122507943622701E+00 a        99     0     5     1     3
  9.5655042766526754E-01 a       100     0     5     1     4
 -6.6321031725539803E-01 a       101     0     5     1     5
  3.7995978482074355E-01 a       102     0     5     1     6
  6.9130563067412332E-01 a       103     0     5     1     7
  2.9113871851120976E-01 a       104     0     5     1     8
  1.4109296365706261E+00 a       105     0     5     1     9
 -9.1547990445666605E-01 a       106     0     5     1    10
 -1.6096036238258360E-01 a       107     0     5     1    11
 -5.9824989672764806E-01 a       108     0     5     1    12
 -7.1542198929869419E-02 a       109     0     5     1    13
  5.5599370350586996E-01 a       110     0     5     1    14
 -6.9155824969107327E-01 a       111     0     5     1    15
  4.1046637671002256E-01 a       112     0     5     1    16
 -1.7458562889030753E-03 a       113     0     5     1    17
 -1.3729449792333182E+00 a       114     0     5     1    18
  1.2908329330702502E+00 a       115     0     5     1    19
 -4.0682512167163021E-01 a       116     0     5     1    20
 -8.8649498755463141E-01 a       117     0     5     1    21
 -8.6740034189711746E-01 a       118     0     5     1    22
  1.9152597126290102E-01 a       119     0     5     1    23
 -1.4764711001540640E+00 a       120     0     5     1    24
  9.5991869932937013E-01 a       121     0     6     1     1
  1.7962797052313195E-01 a       122     0     6     1     2
  6.4299546499910143E-01 a       123     0     6     1     3
 -2.5678944974742896E-01 a       124     0     6     1     4
  1.9560073885750382E+00 a       125     0     6     1     5
  9.7908673972392213E-01 a       126     0     6     1     6
 -4.0463265661577802E-01 a       127     0     6     1     7
 -8.9402408161623192E-01 a       128     0     6     1     8
  2.4551779479436259E-01 a       129     0     6     1     9
 -8.7026329812093073E-02 a       130     0     6     1    10
  1.6879988761982134E+00 a       131     0     6     1    11
  4.2387771882488012E-01 a       132     0     6     1    12
  5.0898363722818152E-01 a       133     0     6     1    13
  1.3670101731563806E+00 a       134     0     6     1    14
 -1.5472924922205447E-01 a       135     0     6     1    15
  4.1089341464798734E-01 a       136     0     6     1    16
  7.8856252940245786E-01 a       137     0     6     1    17
  5.1711390597379725E-01 a       138     0     6     1    18
  1.3393214099685822E+00 a       139     0     6     1    19
  1.4813260231168279E+00 a       140     0     6     1    20
  1.6894750046268030E+00 a       141     0     6     1    21
 -1.3204615017426296E+00 a       142     0     6     1    22
 -1.4886541768275907E+00 a       143     0     6     1    23
  6.7947085791185002E-01 a       144     0     6     1    24
 -1.8271295317224581E+01 a       145     0     7     1     1
  4.6038820899690570E+01 a       146     0     7     1     2
 -3.2546308655229382E+01 a       147     0     7     1     3
 -8.7019139272719670E-01 a       148     0     7     1     4
 -2.6058208410553316E+01 a       149     0     7     1     5
  7.8494285500213765E+00 a       150     0     7     1     6
 -2.6001231417705768E+01 a       151     0     7     1     7
  2.6864661461722967E+01 a       152     0     7     1     8
 -3.2738797312895954E+01 a       153     0     7     1     9
  6.5101331308091370E-01 a       154     0     7     1    10
  2.6880842652087544E+01 a       155     0     7     1    11
 -2.2964688318976478E+01 a       156     0     7     1    12
 -2.8092997972716134E+01 a       157     0     7     1    13
  5.6990807169368285E+00 a       158     0     7     1    14
 -1.2369899920485011E+01 a       159     0     7     1    15
  1.5512136266645017E+01 a       160     0     7     1    16
  2.6962795309968119E+00 a       161     0     7     1    17
 -1.0458482664144183E+01 a       162     0     7     1    18
 -1.4371991736723787E+01 a       163     0     7     1    19
 -3.2348318281401447E+01 a       164     0     7     1    20
 -4.1578690143762522E+01 a       165     0     7     1    21
  1.3559464344134222E+01 a       166     0     7     1    22
 -2.0418768259136691E+01 a       167     0     7     1    23
  2.9165789608073990E+01 a       168     0     7     1    24
  5.5567021331356287E+01 a       169     0     8     1     1
  3.0839178312509038E+01 a       170     0     8     1     2
  6.7453180313473498E+00 a       171     0     8     1     3
 -4.8765178980032537E+00 a       172     0     8     1     4
 -3.0216880395898436E+00 a       173     0     8     1     5
  2.4735835412609635E+01 a       174     0     8     1     6
  6.2017824874510810E+00 a       175     0     8     1     7
 -3.0528671144737816E+00 a       176     0     8     1     8
  3.8108176684953641E+01 a       177     0     8     1     9
  5.8718484289053263E+00 a       178     0     8     1    10
  6.2422020556689986E+01 a       179     0     8     1    11
 -3.0703411920652055E+00 a       180     0     8     1    12
  2.3195406142882074E+01 a       181     0     8     1    13
  7.2875381265325288E+01 a       182     0     8     1    14
  1.1716451838261888E+01 a       183     0     8     1    15
  6.5023528868671834E+00 a       184     0     8     1    16
  2.6923803579043803E+01 a       185     0     8     1    17
  3.7616718213291898E+00 a       186     0     8     1    18
  1.4583360041044475E+01 a       187     0     8     1    19
  1.4398620871276806E+01 a       188     0     8     1    20
  1.6928473666739979E+01 a       189     0     8     1    21
  1.0714587675945548E+01 a       190     0     8     1    22
 -2.5288000423335845E+01 a       191     0     8     1    23
  4.5032323683087636E+00 a       192     0     8     1    24
  2.1801660949487104E+01 a       193     0     9     1     1
  1.5182999846610663E+01 a       194     0     9     1     2
  6.3234359421467573E+01 a       195     0     9     1     3
  4.5709265243074237E-01 a       196     0     9     1     4
  1.6903671087520316E+01 a       197     0     9     1     5
  1.3558325958519234E+01 a       198     0     9     1     6
  4.8250594101941068E+01 a       199     0     9     1     7
 -5.4323899801289876E+01 a       200     0     9     1     8
  1.2695912885748809E+01 a       201     0     9     1     9
  1.2847242648978337E+01 a       202     0     9     1    10
 -1.1887551692809176E+01 a       203     0     9     1    11
 -5.3502449741789651E+00 a       204     0     9     1    12
  2.4000218073449570E+01 a       205     0     9     1    13
  4.7390595226270356E+01 a       206     0     9     1    14
  7.0621042303021686E-01 a       207     0     9     1    15
 -1.0329591741553330E+01 a       208     0     9     1    16
 -1.9384604182565013E+01 a       209     0     9     1    17
 -7.5792598436469169E-02 a       210     0     9     1    18
  2.4701123441890608E+01 a       211     0     9     1    19
  8.3651236762889170E+01 a       212     0     9     1    20
 -2.6032026240558714E+01 a       213     0     9     1    21
 -2.3358517749794977E+01 a       214     0     9     1    22
  1.5312204892903331E+01 a       215     0     9     1    23
 -2.8708099635415675E+01 a       216     0     9     1    24
  3.1743373084868058E+00 a       217     0    10     1     1
 -2.5413817381110553E+00 a       218     0    10     1     2
 -2.1845049607280860E+00 a       219     0    10     1     3
  6.1119980415917730E-01 a       220     0    10     1     4
 -1.0881459170060598E+01 a       221     0    10     1     5
  4.6579894843565661E+00 a       222     0    10     1     6
  2.4727409626832966E+00 a       223     0    10     1     7
  1.6107826655610227E+00 a       224     0    10     1     8
 -3.4228631867039998E+00 a       225     0    10     1     9
 -1.6730986145052367E+00 a       226     0    10     1    10
  2.3869232813531183E-01 a       227     0    10     1    11
 -1.7628371201830630E+00 a       228     0    10     1    12
 -7.5036874611477602E+00 a       229     0    10     1    13
  2.3649932469943007E+00 a       230     0    10     1    14
  1.1585015661613551E+00 a       231     0    10     1    15
 -6.0367795500817127E+00 a       232     0    10     1    16
 -2.0765739462986432E+00 a       233     0    10     1    17
  3.9980598148095936E+00 a       234     0    10     1    18
 -3.0158301009622259E+00 a       235     0    10     1    19
 -1.0072748955092464E+01 a       236     0    10     1    20
 -5.4914723418735791E+00 a       237     0    10     1    21
 -1.5961542298582054E+00 a       238     0    10     1    22
  1.2634788506973274E+01 a       239     0    10     1    23
  1.4385914422777583E+01 a       240     0    10     1    24
  6.2178851771155212E+00 a       241     0    11     1     1
  2.0767816610605888E-01 a       242     0    11     1     2
  1.9598432818295539E+00 a       243     0    11     1     3
  1.1727122094763365E+01 a       244     0    11     1     4
 -1.5910994659693938E+00 a       245     0    11     1     5
 -2.4858908216876312E+00 a       246     0    11     1     6
 -5.4521106147594072E+00 a       247     0    11     1     7
  9.3086480017170672E+00 a       248     0    11     1     8
  9.0355614772362502E-01 a       249     0    11     1     9
  5.0777229664055046E+00 a       250     0    11     1    10
 -2.9838095547036736E+00 a       251     0    11     1    11
  1.8270210203339670E+00 a       252     0    11     1    12
 -2.2535551745737785E+00 a       253     0    11     1    13
  2.9749441516348368E-01 a       254     0    11     1    14
 -5.9916252612894789E+00 a       255     0    11     1    15
 -5.4274087565135574E+00 a       256     0    11     1    16
 -3.8046953011870510E+00 a       257     0    11     1    17
 -1.3632679685427142E+01 a       258     0    11     1    18
 -8.7081857700242242E+00 a       259     0    11     1    19
 -1.9840259242265521E+00 a       260     0    11     1    20
 -5.2426924820286702E+00 a       261     0    11     1    21
  1.2101210246279905E+00 a       262     0    11     1    22
  3.9400340859551584E+00 a       263     0    11     1    23
  3.1416593839173803E+00 a       264     0    11     1    24
  7.0984806136959335E+00 a       265     0    12     1     1
 -3.2566272364646482E+00 a       266     0    12     1     2
 -5.1262298900941490E+00 a       267     0    12     1     3
 -7.6050771278079887E+00 a       268     0    12     1     4
  3.0363401134319523E-01 a       269     0    12     1     5
  3.9246504876599300E+00 a       270     0    12     1     6
 -9.1864851834103085E+00 a       271     0    12     1     7
 -1.0170931130295630E+01 a       272     0    12     1     8
  3.1418808904542992E+00 a       273     0    12     1     9
 -1.2098149546531749E+01 a       274     0    12     1    10
  5.2490895176635677E+00 a       275     0    12     1    11
 -6.2884695486812714E-01 a       276     0    12     1    12
 -1.0525251776775917E+00 a       277     0    12     1    13
 -5.7072138967508250E+00 a       278     0    12     1    14
  5.3903974467995601E+00 a       279     0    12     1    15
  6.6496539822442013E-01 a       280     0    12     1    16
 -9.8317307080205172E+00 a       281     0    12     1    17
  5.1796344581580689E-01 a       282     0    12     1    18
  2.7766666620592519E+00 a       283     0    12     1    19
 -4.4896820330835574E+00 a       284     0    12     1    20
  2.6571393846154652E+00 a       285     0    12     1    21
 -3.1253662797917698E+00 a       286     0    12     1    22
  6.1130792759232913E+00 a       287     0    12     1    23
 -4.3040988688896062E+00 a       288     0    12     1    24
  1.1770813239997737E+00 a       289     0    13     1     1
 -7.1282237898125200E-01 a       290     0    13     1     2
  1.9127199667525671E-01 a       291     0    13     1     3
 -2.7238590245281218E+00 a       292     0    13     1     4
 -6.9924854299784469E+00 a       293     0    13     1     5
  6.3252622311309847E-01 a       294     0    13     1     6
 -2.4389202689279610E-01 a       295     0    13     1     7
 -2.4310169202526180E-01 a       296     0    13     1     8
  3.7651177574459469E+00 a       297     0    13     1     9
  1.8941753594233999E+00 a       298     0    13     1    10
 -7.3305455072687318E+00 a       299     0    13     1    11
 -6.2154609775976875E+00 a       300     0    13     1    12
 -4.4655491996146166E+00 a       301     0    13     1    13
  1.0836868133322501E+00 a       302     0    13     1    14
  1.3382441594400833E+00 a       303     0    13     1    15
 -9.9576924507197955E+00 a       304     0    13     1    16
 -1.9885212132214354E+00 a       305     0    13     1    17
  8.6157570188093086E-02 a       306     0    13     1    18
 -1.6380634199406654E+00 a       307     0    13     1    19
 -8.3932063492634494E+00 a       308     0    13     1    20
 -8.2077321962114222E+00 a       309     0    13     1    21
  9.7079122918775180E+00 a       310     0    13     1    22
  5.9236565362486342E+00 a       311     0    13     1    23
 -1.6994463707182890E+00 a       312     0    13     1    24
 -3.3971242567631621E+00 a       313     0    14     1     1
  7.2550381219901938E+00 a       314     0    14     1     2
 -1.2409302606140747E+01 a       315     0    14     1     3
  6.0851321064589472E+00 a       316     0    14     1     4
 -4.7112878293879126E+00 a       317     0    14     1     5
  3.9488752224931228E-01 a       318     0    14     1     6
  2.0321874652507725E+00 a       319     0    14     1     7
  1.4350424107937292E+00 a       320     0    14     1     8
  3.4268153755957425E+00 a       321     0    14     1     9
 -1.3143170271536841E+00 a       322     0    14     1    10
 -4.9021551543883506E+00 a       323     0    14     1    11
 -1.0227990204648320E+01 a       324     0    14     1    12
 -2.4118836041915679E+00 a       325     0    14     1    13
  1.3913830622525372E+00 a       326     0    14     1    14
 -1.0974096531262743E+01 a       327     0    14     1    15
 -3.1805344403415208E+00 a       328     0    14     1    16
  6.3993501709116289E+00 a       329     0    14     1    17
 -7.4541126746353799E+00 a       330     0    14     1    18
  2.4604384374236350E+00 a       331     0    14     1    19
 -1.0518312902057412E+00 a       332     0    14     1    20
 -2.3409107199347556E+01 a       333     0    14     1    21
  6.6883374961157251E+00 a       334     0    14     1    22
 -1.5449953142895238E+01 a       335     0    14     1    23
 -1.2827648279315794E+01 a       336     0    14     1    24
  7.9871919073974347E+00 a       337     0    15     1     1
  5.5700952920741020E+00 a       338     0    15     1     2
  1.3675151053362311E+00 a       339     0    15     1     3
 -1.8706873212118980E+00 a       340     0    15     1     4
  2.1499763205539755E+00 a       341     0    15     1     5
  9.5749532940524258E+00 a       342     0    15     1     6
  6.5239345418482992E+00 a       343     0    15     1     7
 -7.1960319090712979E+00 a       344     0    15     1     8
  1.3562125640789697E+01 a       345     0    15     1     9
 -1.7069026168970469E+00 a       346     0    15     1    10
  1.2536640053622042E+01 a       347     0    15     1    11
 -1.6998250882054000E+00 a       348     0    15     1    12
  8.3107803618840563E+00 a       349     0    15     1    13
  1.3374421767642676E+01 a       350     0    15     1    14
  7.9832800102889454E+00 a       351     0    15     1    15
  1.0253227144574783E+01 a       352     0    15     1    16
  6.1099819561347539E+00 a       353     0    15     1    17
  2.4302874904749157E+01 a       354     0    15     1    18
  1.5621367944652937E+01 a       355     0    15     1    19
  6.3611489569431479E+00 a       356     0    15     1    20
  1.1086717387172916E+01 a       357     0    15     1    21
 -7.0398182055437637E+00 a       358     0    15     1    22
 -9.2420007562965019E+00 a       359     0    15     1    23
 -2.7787034362034890E+00 a       360     0    15     1    24
 -7.2468847392413949E+00 a       361     0    16     1     1
 -1.0647640153460172E+00 a       362     0    16     1     2
  3.4390397148830516E+01 a       363     0    16     1     3
 -4.7245312870993530E+01 a       364     0    16     1     4
  7.5440242677287813E+01 a       365     0    16     1     5
 -3.3091313968223780E+01 a       366     0    16     1     6
  3.1572474985441890E+01 a       367     0    16     1     7
  7.2015869724812376E+01 a       368     0    16     1     8
  6.9077308488277708E+01 a       369     0    16     1     9
  9.7897537810682891E+01 a       370     0    16     1    10
 -2.0889863167996250E+01 a       371     0    16     1    11
  9.4976071513433968E+00 a       372     0    16     1    12
  8.3564387196624679E+01 a       373     0    16     1    13
 -2.2260675156389329E+01 a       374     0    16     1    14
 -3.6017373704200580E+01 a       375     0    16     1    15
 -8.0884113568254534E+01 a       376     0    16     1    16
 -3.6510418229608050E+01 a       377     0    16     1    17
 -3.7576524901791025E+01 a       378     0    16     1    18
  1.1342454709640567E+01 a       379     0    16     1    19
 -2.5340811930588771E+01 a       380     0    16     1    20
  6.1816584190675329E+01 a       381     0    16     1    21
  2.5766015532768055E+01 a       382     0    16     1    22
 -2.2412543457339620E+01 a       383     0    16     1    23
 -2.2233013492642435E+01 a       384     0    16     1    24
 -3.6362427516567365E+01 a       385     0    17     1     1
 -3.6113349307855806E+01 a       386     0    17     1     2
 -1.2168229419917937E+01 a       387     0    17     1     3
 -1.9415241917965993E+01 a       388     0    17     1     4
  6.6971983680972485E+01 a       389     0    17     1     5
 -3.1312457935653896E+01 a       390     0    17     1     6
 -4.0690065130762058E+01 a       391     0    17     1     7
  4.4386987367534566E+01 a       392     0    17     1     8
  4.6683537442232765E+00 a       393     0    17     1     9
 -4.3494882460095255E+01 a       394     0    17     1    10
 -3.2665251913880063E+01 a       395     0    17     1    11
 -4.4921038833623115E+01 a       396     0    17     1    12
  3.3988895506401860E+01 a       397     0    17     1    13
 -1.0134290657714409E+01 a       398     0    17     1    14
  3.3047829974666327E+00 a       399     0    17     1    15
  2.0296565309877391E+01 a       400     0    17     1    16
 -4.4596567935441655E+01 a       401     0    17     1    17
  2.4499889436610683E+01 a       402     0    17     1    18
  4.2204109011378446E+00 a       403     0    17     1    19
  1.7440924684969154E+01 a       404     0    17     1    20
 -1.9571771086244379E+01 a       405     0    17     1    21
 -2.4949044726235137E+01 a       406     0    17     1    22
 -5.7673467068031890E+01 a       407     0    17     1    23
  1.4461861424221020E+01 a       408     0    17     1    24
 -2.0331854449025560E+01 a       409     0    18     1     1
 -8.3017368886578893E+01 a       410     0    18     1     2
 -3.1336723935117988E+01 a       411     0    18     1     3
  5.1612058598765600E+01 a       412     0    18     1     4
 -2.2101294046734186E+01 a       413     0    18     1     5
 -9.0335737929868660E+00 a       414     0    18     1     6
  2.5264830607355226E+00 a       415     0    18     1     7
  5.0185046476007358E+00 a       416     0    18     1     8
 -9.9509929008770612E+00 a       417     0    18     1     9
 -5.5299142191970731E+01 a       418     0    18     1    10
 -4.0045523672904643E+01 a       419     0    18     1    11
  3.8654538508820124E+01 a       420     0    18     1    12
 -1.9487967516570585E+01 a       421     0    18     1    13
 -5.7539813150040978E+01 a       422     0    18     1    14
  9.0976415052736019E+00 a       423     0    18     1    15
  1.3237038631304131E+01 a       424     0    18     1    16
  9.0622779638682175E+01 a       425     0    18     1    17
  3.6884577985453063E+01 a       426     0    18     1    18
 -1.4305103795367490E+01 a       427     0    18     1    19
  1.5286111662779607E+01 a       428     0    18     1    20
  3.0656336332594133E+01 a       429     0    18     1    21
  2.6898103695627178E+00 a       430     0    18     1    22
  6.7662203073408973E+00 a       431     0    18     1    23
  1.2709508979818063E+01 a       432     0    18     1    24
 -5.7299483010290132E+01 a       433     0    19     1     1
 -3.5305639400486832E+00 a       434     0    19     1     2
  2.9420256326850831E+00 a       435     0    19     1     3
  3.6446421041484065E+01 a       436     0    19     1     4
 -6.9648479049096252E+00 a       437     0    19     1     5
  7.6540430320080519E+00 a       438     0    19     1     6
  1.9798342407916390E+01 a       439     0    19     1     7
 -4.3368860622816236E+01 a       440     0    19     1     8
 -6.0376265994740145E+01 a       441     0    19     1     9
  1.3327317369077358E+01 a       442     0    19     1    10
 -5.4383885208140875E+01 a       443     0    19     1    11
  6.1359604021618829E+01 a       444     0    19     1    12
 -2.8318043968492347E+01 a       445     0    19     1    13
 -1.3627048158446414E+02 a       446     0    19     1    14
 -1.9637637217998382E+01 a       447     0    19     1    15
 -7.4395858727924660E+00 a       448     0    19     1    16
  4.0601096509683439E+00 a       449     0    19     1    17
  1.0360770820464690E+01 a       450     0    19     1    18
 -4.7962572584191676E+00 a       451     0    19     1    19
  7.5632331681683889E+00 a       452     0    19     1    20
  2.6159541081766260E+01 a       453     0    19     1    21
 -2.9170255304861186E+01 a       454     0    19     1    22
  6.3560699780408406E+01 a       455     0    19     1    23
 -3.3937345517374347E+01 a       456     0    19     1    24
  3.5799731064041249E+00 a       457     0    20     1     1
  5.2147209920949376E+00 a       458     0    20     1     2
 -3.7951452087425941E+00 a       459     0    20     1     3
  8.0192070558168869E+00 a       460     0    20     1     4
 -1.6726785528787225E+01 a       461     0    20     1     5
  1.0093275540360363E+01 a       462     0    20     1     6
 -4.6153742098730666E+00 a       463     0    20     1     7
 -1.3562677988023205E+01 a       464     0    20     1     8
 -1.8690458529629154E+01 a       465     0    20     1     9
 -1.6412584454551226E+01 a       466     0    20     1    10
  5.5380997000780345E+00 a       467     0    20     1    11
 -9.2391746502764356E+00 a       468     0    20     1    12
 -2.0785508564180603E+01 a       469     0    20     1    13
  1.2263350221182321E+01 a       470     0    20     1    14
  1.5351646615634849E+00 a       471     0    20     1    15
  2.8778256525342938E+00 a       472     0    20     1    16
 -1.5740882786204482E+00 a       473     0    20     1    17
  5.6478323972676607E+00 a       474     0    20     1    18
 -9.7240318216191834E-02 a       475     0    20     1    19
 -1.2656673499844704E+00 a       476     0    20     1    20
 -1.7855218812915563E+01 a       477     0    20     1    21
 -3.2061422122835115E+00 a       478     0    20     1    22
  6.3949798400184772E+00 a       479     0    20     1    23
  1.0222000072276247E+01 a       480     0    20     1    24
  1.2132281462703199E+01 a       481     0    21     1     1
  2.6713005595489276E+00 a       482     0    21     1     2
  4.4789976333743313E+00 a       483     0    21     1     3
  5.9713042181199123E+00 a       484     0    21     1     4
 -9.6374836744455443E+00 a       485     0    21     1     5
  2.5564654260661701E+00 a       486     0    21     1     6
  3.0502448099044517E+00 a       487     0    21     1     7
 -1.6350283363959981E+00 a       488     0    21     1     8
 -2.1395698514198647E+00 a       489     0    21     1     9
  6.0556666669442469E+00 a       490     0    21     1    10
  6.6813000548434331E+00 a       491     0    21     1    11
  3.7610487883500716E+00 a       492     0    21     1    12
 -6.0107373450541388E+00 a       493     0    21     1    13
  9.6504914532992636E+00 a       494     0    21     1    14
 -3.1261700072556482E+00 a       495     0    21     1    15
 -3.1149853073793143E+00 a       496     0    21     1    16
  3.3800019932978254E+00 a       497     0    21     1    17
 -1.0346248533058453E+01 a       498     0    21     1    18
 -6.2865323740990133E+00 a       499     0    21     1    19
 -6.0671187080872961E+00 a       500     0    21     1    20
 -3.4701769374247218E+00 a       501     0    21     1    21
  7.8444170788110696E+00 a       502     0    21     1    22
  6.4955033702986711E+00 a       503     0    21     1    23
  2.7540618843412967E-01 a       504     0    21     1    24
 -3.4109106075372360E+01 a       505     0    22     1     1
  2.0471468899848166E+01 a       506     0    22     1     2
 -1.2730434659777867E+00 a       507     0    22     1     3
  5.5142076065330492E+01 a       508     0    22     1     4
 -8.4335924182444142E+00 a       509     0    22     1     5
  1.5443812736522988E+01 a       510     0    22     1     6
 -3.6353597344282989E+00 a       511     0    22     1     7
  1.0084799571969102E+01 a       512     0    22     1     8
 -3.7772942796324031E+01 a       513     0    22     1     9
 -1.2608967745913732E+01 a       514     0    22     1    10
 -8.8304579356482140E+00 a       515     0    22     1    11
 -3.3293008269815410E+01 a       516     0    22     1    12
 -4.9028505018745648E+01 a       517     0    22     1    13
  5.8052935158538304E+01 a       518     0    22     1    14
 -1.7166132067308705E+01 a       519     0    22     1    15
  4.9853488065193318E+01 a       520     0    22     1    16
 -6.8893141117628420E-01 a       521     0    22     1    17
  1.4591481575095369E+01 a       522     0    22     1    18
  1.4170325313171768E+01 a       523     0    22     1    19
 -5.2767930578986672E+01 a       524     0    22     1    20
  4.3898894203355638E+01 a       525     0    22     1    21
  1.4608079584024452E+01 a       526     0    22     1    22
 -6.0596191038042065E+01 a       527     0    22     1    23
 -6.4361766415222199E+00 a       528     0    22     1    24
 -2.3388374078709077E+01 a       529     0    23     1     1
 -3.1703649883460955E+01 a       530     0    23     1     2
 -2.3720656554899950E+01 a       531     0    23     1     3
 -4.7518367432571900E+01 a       532     0    23     1     4
 -1.9006667682856481E+01 a       533     0    23     1     5
 -9.3335780206150254E+00 a       534     0    23     1     6
  4.5288309410467278E+01 a       535     0    23     1     7
 -2.7369709868723735E+01 a       536     0    23     1     8
 -3.3923651591765925E+01 a       537     0    23     1     9
 -5.1802696637913805E+01 a       538     0    23     1    10
  1.6890304595506986E+01 a       539     0    23     1    11
 -9.6254685510533715E+00 a       540     0    23     1    12
 -1.6764519472556447E-01 a       541     0    23     1    13
  1.9342186200508876E-01 a       542     0    23     1    14
 -3.4748979064887568E+00 a       543     0    23     1    15
  6.6698586010838312E+01 a       544     0    23     1    16
 -1.2860669562947425E+01 a       545     0    23     1    17
 -1.0255170945911759E+01 a       546     0    23     1    18
  1.2293805617610372E+01 a       547     0    23     1    19
 -3.0287650323862671E+01 a       548     0    23     1    20
  1.9053557218401540E+01 a       549     0    23     1    21
 -1.1128508106171926E+01 a       550     0    23     1    22
 -4.1415466605107802E+00 a       551     0    23     1    23
 -1.6324801931795289E+01 a       552     0    23     1    24
  1.4129305008366888E+01 a       553     0    24     1     1
  3.4706632949076419E+00 a       554     0    24     1     2
 -9.6274858341459846E-01 a       555     0    24     1     3
 -3.0270122306305865E+01 a       556     0    24     1     4
  8.8649125088179375E+00 a       557     0    24     1     5
 -1.0004794897678744E+01 a       558     0    24     1     6
 -1.4507984697855520E+01 a       559     0    24     1     7
 -1.5299232773442215E+01 a       560     0    24     1     8
  1.7948837414623199E+01 a       561     0    24     1     9
  1.8081912601282835E+00 a       562     0    24     1    10
  1.5044588930621250E+01 a       563     0    24     1    11
  1.4443129603141928E+01 a       564     0    24     1    12
  2.5322601020854218E+01 a       565     0    24     1    13
 -2.4096540834535155E+01 a       566     0    24     1    14
  1.8833781124605935E+01 a       567     0    24     1    15
  9.4154198255860191E+00 a       568     0    24     1    16
 -5.1413734329133582E+00 a       569     0    24     1    17
 -1.1232712175903478E+01 a       570     0    24     1    18
 -6.5162681575733581E+00 a       571     0    24     1    19
  3.5495913479971435E+01 a       572     0    24     1    20
 -1.8391113815897466E+01 a       573     0    24     1    21
 -9.0610381279734789E+00 a       574     0    24     1    22
  1.1570082443718114E+01 a       575     0    24     1    23
 -1.7408178931904583E+01 a       576     0    24     1    24
  1.6846165313245180E+01 a       577     0    25     1     1
  2.3634526210911609E+01 a       578     0    25     1     2
  8.0543398939257695E+00 a       579     0    25     1     3
 -6.9153052997792552E-01 a       580     0    25     1     4
 -5.0248583042990269E+00 a       581     0    25     1     5
  1.2157003001133676E+01 a       582     0    25     1     6
 -9.0410301041824521E+00 a       583     0    25     1     7
 -3.2118917448017985E+00 a       584     0    25     1     8
  2.6998994441971433E+01 a       585     0    25     1     9
  2.3798225680494973E+01 a       586     0    25     1    10
  1.2127471732744340E+01 a       587     0    25     1    11
 -6.8492031399720088E-01 a       588     0    25     1    12
  2.4795516456878763E+00 a       589     0    25     1    13
  2.5564223239512518E+01 a       590     0    25     1    14
  1.6305030268325030E+01 a       591     0    25     1    15
 -2.6865995421968048E+01 a       592     0    25     1    16
  2.0617399451568978E+01 a       593     0    25     1    17
  1.8873199168459912E+01 a       594     0    25     1    18
  8.5188047750558820E+00 a       595     0    25     1    19
  1.3872262452316329E+01 a       596     0    25     1    20
  8.6563419443906009E-01 a       597     0    25     1    21
  1.3823880648700051E+01 a       598     0    25     1    22
 -5.1193404188385596E+00 a       599     0    25     1    23
  5.5832873876235141E+00 a       600     0    25     1    24
 -8.6500736246925936E+00 a       601     0    26     1     1
 -7.3828304726983944E+00 a       602     0    26     1     2
 -1.8697366942009797E+00 a       603     0    26     1     3
 -7.2058860891556520E-01 a       604     0    26     1     4
 -2.4916788568411299E+00 a       605     0    26     1     5
 -7.7160784276201380E+00 a       606     0    26     1     6
 -2.0966698340141874E+00 a       607     0    26     1     7
  2.4822625691036571E+00 a       608     0    26     1     8
 -6.9333890660498696E+00 a       609     0    26     1     9
  8.5678698637810746E-02 a       610     0    26     1    10
 -1.2117158481576254E+01 a       611     0    26     1    11
 -2.2017059064851772E+00 a       612     0    26     1    12
 -7.9571197974538537E+00 a       613     0    26     1    13
 -7.5116562532645865E+00 a       614     0    26     1    14
 -2.0146672117442126E+00 a       615     0    26     1    15
 -2.5317210144271955E+00 a       616     0    26     1    16
 -5.9188681941689145E+00 a       617     0    26     1    17
 -4.7604565119653657E+00 a       618     0    26     1    18
 -4.8987383852502457E+00 a       619     0    26     1    19
 -6.9317838485836134E+00 a       620     0    26     1    20
 -7.0374724843605065E+00 a       621     0    26     1    21
  1.6289272972227280E+00 a       622     0    26     1    22
  5.6670877711215795E+00 a       623     0    26     1    23
  1.6899610471554305E+00 a       624     0    26     1    24
  2.8633650468872389E+01 a       625     0    27     1     1
 -1.8596188881825277E+01 a       626     0    27     1     2
  7.0006942209719956E+00 a       627     0    27     1     3
 -3.0359742368391650E+01 a       628     0    27     1     4
 -1.5979410706972219E+00 a       629     0    27     1     5
  3.2107081448091495E+00 a       630     0    27     1     6
 -2.6883829701759453E+01 a       631     0    27     1     7
 -2.7282750020152790E+01 a       632     0    27     1     8
  2.9344782035562761E-01 a       633     0    27     1     9
 -1.8235770685006070E+01 a       634     0    27     1    10
  2.6728366801165329E+01 a       635     0    27     1    11
  2.0121636577920722E+01 a       636     0    27     1    12
 -4.1193066000964826E+00 a       637     0    27     1    13
 -7.4968073342462098E+00 a       638     0    27     1    14
  4.6409556228940957E+01 a       639     0    27     1    15
  1.9183886558760765E+01 a       640     0    27     1    16
 -3.4494769052907110E+01 a       641     0    27     1    17
  1.9242602009984790E+01 a       642     0    27     1    18
 -5.2667577998875368E+00 a       643     0    27     1    19
 -1.4877337570993413E+01 a       644     0    27     1    20
  3.9821549488737190E+01 a       645     0    27     1    21
 -2.3758252457836733E+01 a       646     0    27     1    22
  5.3572028462064893E+01 a       647     0    27     1    23
  2.1738259646306368E+01 a       648     0    27     1    24
 -6.8512774698993404E+00 a       649     0    28     1     1
 -9.9607505587050156E+00 a       650     0    28     1     2
  1.3846916132148204E-01 a       651     0    28     1     3
  4.2268964439410244E+00 a       652     0    28     1     4
 -2.6726914750249925E+01 a       653     0    28     1     5
 -2.4481598286608449E+01 a       654     0    28     1     6
 -1.7259522670206067E+01 a       655     0    28     1     7
  2.3139069395007098E+01 a       656     0    28     1     8
 -1.5720748124361185E+01 a       657     0    28     1     9
  1.9993415570931145E+01 a       658     0    28     1    10
 -3.3335563792307681E+01 a       659     0    28     1    11
 -8.2389727126592884E+00 a       660     0    28     1    12
 -3.2976339504333183E+01 a       661     0    28     1    13
 -4.4403195336692383E+00 a       662     0    28     1    14
 -1.2032353084240988E+01 a       663     0    28     1    15
 -4.5028411458575583E+01 a       664     0    28     1    16
 -1.3290015168305985E+01 a       665     0    28     1    17
 -5.6358795987604317E+01 a       666     0    28     1    18
 -3.8908143140975675E+01 a       667     0    28     1    19
 -2.9315892070449596E+01 a       668     0    28     1    20
 -4.2142649501880264E+01 a       669     0    28     1    21
  3.4837131608738709E+01 a       670     0    28     1    22
  3.1041557869384846E+01 a       671     0    28     1    23
  1.5166568394800878E+01 a       672     0    28     1    24
 -3.7274912474708355E+00 a       673     0    29     1     1
  1.7859512074029645E+01 a       674     0    29     1     2
 -1.1784473577323421E+01 a       675     0    29     1     3
 -2.7171863566860694E+00 a       676     0    29     1     4
 -1.6485001026513526E+01 a       677     0    29     1     5
 -6.8672112307690814E-01 a       678     0    29     1     6
  4.9405644788385121E+00 a       679     0    29     1     7
  1.4609082190844459E+01 a       680     0    29     1     8
 -7.3868110883657288E+00 a       681     0    29     1     9
  1.2824286435649514E+01 a       682     0    29     1    10
  5.8713879447782409E+00 a       683     0    29     1    11
 -2.6796043574135271E+00 a       684     0    29     1    12
 -7.1094380467624729E-01 a       685     0    29     1    13
 -6.5244338940370454E+00 a       686     0    29     1    14
 -1.1869860090329123E+01 a       687     0    29     1    15
 -1.2362723419821060E+01 a       688     0    29     1    16
  1.6861020257914198E+01 a       689     0    29     1    17
 -1.2932065802722290E+01 a       690     0    29     1    18
 -1.1262260005315206E+01 a       691     0    29     1    19
  9.7828776429912168E+00 a       692     0    29     1    20
 -5.4636680519968493E+01 a       693     0    29     1    21
  7.6532088287159414E+00 a       694     0    29     1    22
  2.0701903839610463E+00 a       695     0    29     1    23
  1.5020317830192113E+01 a       696     0    29     1    24
  3.5351309285415248E+01 a       697     0    30     1     1
  2.6850045278068748E+01 a       698     0    30     1     2
  1.3944476364658346E+01 a       699     0    30     1     3
  2.2156058573906005E+01 a       700     0    30     1     4
  1.3534079465354306E+01 a       701     0    30     1     5
  1.8750120786208505E+01 a       702     0    30     1     6
 -8.7400767431939919E+00 a       703     0    30     1     7
  7.2434275664801397E+00 a       704     0    30     1     8
  2.8831536498265184E+01 a       705     0    30     1     9
  2.1552570343220054E+01 a       706     0    30     1    10
  3.5377227044013530E+01 a       707     0    30     1    11
  1.2873463545944789E+01 a       708     0    30     1    12
  1.5452102732969195E+01 a       709     0    30     1    13
  3.4602385431499712E+01 a       710     0    30     1    14
  4.3592298450099243E+00 a       711     0    30     1    15
 -3.3497933207405515E+00 a       712     0    30     1    16
  2.1022231439527570E+01 a       713     0    30     1    17
  9.8487411326018197E+00 a       714     0    30     1    18
  8.6233449563330336E+00 a       715     0    30     1    19
  2.7729916896589877E+01 a       716     0    30     1    20
  1.2342133376281026E+01 a       717     0    30     1    21
 -5.6778749330613794E+00 a       718     0    30     1    22
 -1.6688235543616226E+01 a       719     0    30     1    23
  9.5628835028924950E+00 a       720     0    30     1    24
 -1.1549330221851637E+00 a       721     0    31     1     1
 -4.6648144744859971E-01 a       722     0    31     1     2
 -1.9044633592909871E-01 a       723     0    31     1     3
 -8.1072747846517468E-01 a       724     0    31     1     4
  1.4381398644484145E+00 a       725     0    31     1     5
 -4.0724969282618870E+00 a       726     0    31     1     6
 -3.7672042737750031E+00 a       727     0    31     1     7
 -9.1280382781075795E-02 a       728     0    31     1     8
 -4.2914465347656297E+00 a       729     0    31     1     9
 -1.0791258627173299E+00 a       730     0    31     1    10
  3.1811888299831543E+00 a       731     0    31     1    11
  1.6717524900341727E+00 a       732     0    31     1    12
 -6.3441264792758689E-01 a       733     0    31     1    13
 -3.9263967387281635E+00 a       734     0    31     1    14
 -2.3358770582089221E+00 a       735     0    31     1    15
 -3.5751821212802876E-01 a       736     0    31     1    16
 -3.1425972266178523E+00 a       737     0    31     1    17
 -1.3873658418935098E+00 a       738     0    31     1    18
 -5.3521945676004439E+00 a       739     0    31     1    19
  3.7617830104606593E+00 a       740     0    31     1    20
 -8.5479121157035565E-01 a       741     0    31     1    21
 -9.2542559333864405E-01 a       742     0    31     1    22
 -6.2100899957521782E-01 a       743     0    31     1    23
 -2.7664826249533276E+00 a       744     0    31     1    24
 -2.6529494250048063E-01 a       745     0    32     1     1
 -1.1633485622927374E-01 a       746     0    32     1     2
 -1.0431751420732842E+00 a       747     0    32     1     3
 -8.2887449006404532E-02 a       748     0    32     1     4
  9.5943740991269211E-01 a       749     0    32     1     5
 -2.3846336379492112E+00 a       750     0    32     1     6
 -1.7491729051977354E+00 a       751     0    32     1     7
  3.6195863857456378E-01 a       752     0    32     1     8
 -3.1003426309319215E-01 a       753     0    32     1     9
 -9.6602558791893745E-01 a       754     0    32     1    10
  1.9489871397551373E-01 a       755     0    32     1    11
 -3.1350179073079298E-01 a       756     0    32     1    12
 -5.0039006294838019E-02 a       757     0    32     1    13
 -1.4557278813722485E+00 a       758     0    32     1    14
 -1.0044242288236074E+00 a       759     0    32     1    15
  1.3633575829236153E-01 a       760     0    32     1    16
 -1.3483673900737101E+00 a       761     0    32     1    17
 -1.9092864084260730E-01 a       762     0    32     1    18
 -7.6576323369885113E-01 a       763     0    32     1    19
  3.3945508924629814E-01 a       764     0    32     1    20
 -1.1627722776142942E-01 a       765     0    32     1    21
 -1.3758993034651601E+00 a       766     0    32     1    22
 -1.2573140471892661E+00 a       767     0    32     1    23
 -7.8734985771480093E-01 a       768     0    32     1    24
  1.9619963825313733E-01 b       769     1     1
 -1.3891681709431469E-01 b       770     1     2
  1.6251425378995091E-01 b       771     1     3
  2.1499252864144186E-01 b       772     1     4
  2.2556107152449822E-01 b       773     1     5
 -9.3960229971461695E-02 b       774     1     6
  8.4643788397683203E-02 b       775     1     7
  9.2267670929109410E-02 b       776     1     8
  3.1441245025318622E-02 b       777     1     9
  2.1839890718904861E-01 b       778     1    10
 -7.4779402514102589E-02 b       779     1    11
  3.6939825861377173E-02 b       780     1    12
  1.0686357618105558E-01 b       781     1    13
 -1.0771318988357322E-01 b       782     1    14
  4.6998274576781927E-02 b       783     1    15
 -4.9021639847280959E-02 b       784     1    16
 -8.8069314370882557E-02 b       785     1    17
  1.1711316420585929E-01 b       786     1    18
  4.6179974506776487E-02 b       787     1    19
  2.6897037806409108E-01 b       788     1    20
  2.4376000148315802E-01 b       789     1    21
  7.9882955550966986E-02 b       790     1    22
 -9.3564415666850240E-02 b       791     1    23
  6.2511266062247495E-02 b       792     1    24
 -8.7567304899317255E-01 a       793     1     1     2     1
 -2.0234020232155686E-01 a       794     1     1     2     2
 -1.5706745192643383E+00 a       795     1     1     2     3
 -3.2800495595795938E+00 a       796     1     1     2     4
  4.6872990105643331E-01 a       797     1     1     2     5
  1.2285703133869279E+00 a       798     1     1     2     6
 -1.1618292644705961E+00 a       799     1     1     2     7
 -1.1829934451573403E+00 a       800     1     1     2     8
  4.3630426290029417E-01 a       801     1     1     2     9
  3.5143802217694492E-01 a       802     1     1     2    10
 -4.9829117244671539E-02 a       803     1     1     2    11
 -8.0985831138810660E-01 a       804     1     1     2    12
  1.8024539420795658E+00 a       805     1     1     2    13
 -4.8567519602310838E-01 a       806     1     1     2    14
 -7.4022554194680279E-01 a       807     1     1     2    15
  1.7122334439948292E-01 a       808     1     1     2    16
  4.5621624164632246E-01 a       809     1     1     2    17
 -5.5254328249316420E-01 a       810     1     1     2    18
  1.0929576783367605E+00 a       811     1     1     2    19
 -6.9928679673896521E-01 a       812     1     1     2    20
 -1.0463664625429416E+00 a       813     1     1     2    21
 -1.9889846300925433E+00 a       814     1     1     2    22
 -1.0653757132653303E-01 a       815     1     1     2    23
 -3.5287734543497623E-01 a       816     1     1     2    24
  5.2201856857616624E-01 a       817     1     2     2     1
  1.1021531354403005E+00 a       818     1     2     2     2
  7.5504622637622787E-01 a       819     1     2     2     3
  8.0556942945633270E-01 a       820     1     2     2     4
 -9.4816906703675194E-02 a       821     1     2     2     5
  2.4888051139260199E+00 a       822     1     2     2     6
  1.5428782840130111E+00 a       823     1     2     2     7
  7.9384684071621681E-01 a       824     1     2     2     8
 -1.0761818479797935E+00 a       825     1     2     2     9
 -3.7262166269576785E-01 a       826     1     2     2    10
 -2.1695216773461104E-01 a       827     1     2     2    11
 -9.7288967774706880E-01 a       828     1     2     2    12
 -1.7861951284728548E+00 a       829     1     2     2    13
  2.0230648383556313E-01 a       830     1     2     2    14
  2.2032104491696787E+00 a       831     1     2     2    15
 -4.4492101488558067E-01 a       832     1     2     2    16
  2.9091431637530683E+00 a       833     1     2     2    17
  1.9932681335296934E-01 a       834     1     2     2    18
 -9.3508964455050048E-01 a       835     1     2     2    19
  1.5772399773735126E+00 a       836     1     2     2    20
 -6.6888145073105520E-01 a       837     1     2     2    21
  1.3081414823054833E+00 a       838     1     2     2    22
  8.9714153335379587E-01 a       839     1     2     2    23
  1.3370885103130989E-01 a       840     1     2     2    24
 -3.7281405531322814E-01 a       841     1     3     2     1
  6.7955734508612675E-01 a       842     1     3     2     2
  8.5466830182072284E-01 a       843     1     3     2     3
 -9.7920433762425896E-01 a       844     1     3     2     4
 -4.6907014758191912E-01 a       845     1     3     2     5
  1.8772145124823565E+00 a       846     1     3     2     6
  2.0497389910261625E+00 a       847     1     3     2     7
  2.5740864462063512E-01 a       848     1     3     2     8
  1.6129570066367382E+00 a       849     1     3     2     9
 -1.3963285743210911E+00 a       850     1     3     2    10
 -1.9844886491739386E+00 a       851     1     3     2    11
 -1.8264020994869044E+00 a       852     1     3     2    12
  2.7995408249629992E+00 a       853     1     3     2    13
 -1.9425516312625366E+00 a       854     1     3     2    14
  9.4244484408380158E-01 a       855     1     3     2    15
 -6.0610680347313754E-02 a       856     1     3     2    16
  1.1466146777767725E+00 a       857     1     3     2    17
 -8.8681457315972834E-01 a       858     1     3     2    18
 -8.9690992573189876E-01 a       859     1     3     2    19
  2.8505599197732290E-01 a       860     1     3     2    20
 -6.7450788156223196E-01 a       861     1     3     2    21
 -1.8561450670012900E+00 a       862     1     3     2    22
  1.3788170709284011E+00 a       863     1     3     2    23
 -8.2048391726279979E-01 a       864     1     3     2    24
  9.1918239639907862E-01 a       865     1     4     2     1
  1.1139644345484241E+00 a       866     1     4     2     2
  1.5658017622403702E+00 a       867     1     4     2     3
  2.7620880430591488E-01 a       868     1     4     2     4
  3.6421902134893336E-01 a       869     1     4     2     5
  1.8874629386060260E+00 a       870     1     4     2     6
  1.1322716794930570E+00 a       871     1     4     2     7
 -1.9893187632501035E+00 a       872     1     4     2     8
  9.6106985584384141E-01 a       873     1     4     2     9
 -1.3085190162663511E+00 a       874     1     4     2    10
  3.5450649735164830E-01 a       875     1     4     2    11
 -2.6125032423899137E-02 a       876     1     4     2    12
 -1.3445512135872391E+00 a       877     1     4     2    13
  1.4802385202666235E+00 a       878     1     4     2    14
  2.6763477379810623E+00 a       879     1     4     2    15
 -6.6832464755282162E-01 a       880     1     4     2    16
 -1.3295706252670629E+00 a       881     1     4     2    17
 -1.1110326337746022E+00 a       882     1     4     2    18
 -8.0282286334031916E-01 a       883     1     4     2    19
  3.4198989409923458E-01 a       884     1     4     2    20
  9.4061434131394794E-01 a       885     1     4     2    21
  3.9614350435638732E+00 a       886     1     4     2    22
  1.8316051165675509E+00 a       887     1     4     2    23
 -2.8890082711195055E+00 a       888     1     4     2    24
 -1.6463592316881259E-01 a       889     1     5     2     1
 -1.1790183639797251E+00 a       890     1     5     2     2
  1.5413996269259005E+00 a       891     1     5     2     3
 -2.4714803128296539E-01 a       892     1     5     2     4
  5.7642850046092775E-01 a       893     1     5     2     5
  7.7182188494580994E-01 a       894     1     5     2     6
  1.2310334516566104E+00 a       895     1     5     2     7
 -4.1962097015037880E-01 a       896     1     5     2     8
 -8.9913336815854983E-01 a       897     1     5     2     9
  1.0442647699500498E+00 a       898     1     5     2    10
  1.7396346144243340E+00 a       899     1     5     2    11
  1.3074219646113250E+00 a       900     1     5     2    12
  3.9967757980666657E-01 a       901     1     5     2    13
 -1.0441013499355545E+00 a       902     1     5     2    14
 -5.8333864084969778E-01 a       903     1     5     2    15
  3.7821102427476999E-01 a       904     1     5     2    16
 -2.0650136029032712E-01 a       905     1     5     2    17
 -1.8288916961112409E-01 a       906     1     5     2    18
  7.9740798460040774E-01 a       907     1     5     2    19
 -5.0584692007225240E-01 a       908     1     5     2    20
 -8.5915210103212658E-01 a       909     1     5     2    21
  1.7345164358159697E+00 a       910     1     5     2    22
 -1.3172346392932583E+00 a       911     1     5     2    23
 -2.6430146181881115E-01 a       912     1     5     2    24
 -9.8593483714611985E-01 a       913     1     6     2     1
 -4.8222755489179717E-02 a       914     1     6     2     2
 -1.5619991968799505E+00 a       915     1     6     2     3
  1.1205401862381401E+00 a       916     1     6     2     4
 -4.0846761536677034E-01 a       917     1     6     2     5
  6.6052345068469187E-01 a       918     1     6     2     6
 -1.0597547508620366E+00 a       919     1     6     2     7
 -3.1116409587384399E-02 a       920     1     6     2     8
  1.8786168544601252E+00 a       921     1     6     2     9
  5.7620630821382565E-02 a       922     1     6     2    10
  2.2466489714759130E+00 a       923     1     6     2    11
  1.1160263524392555E+00 a       924     1     6     2    12
 -2.8421257537567515E+00 a       925     1     6     2    13
  2.7930355108924467E+00 a       926     1     6     2    14
  9.5800184690648027E-01 a       927     1     6     2    15
  7.7774021507865232E-01 a       928     1     6     2    16
 -1.9584560263521464E-01 a       929     1     6     2    17
  7.9390492846885083E-02 a       930     1     6     2    18
  3.9762607676013534E-01 a       931     1     6     2    19
  2.2119146620820578E+00 a       932     1     6     2    20
  6.2743957316600818E-02 a       933     1     6     2    21
 -3.9182550633088002E+00 a       934     1     6     2    22
 -2.1637764540586812E-01 a       935     1     6     2    23
  3.0594501501599980E-01 a       936     1     6     2    24
 -6.5295982154711718E-01 a       937     1     7     2     1
 -7.0738869149507189E-01 a       938     1     7     2     2
  1.7335483155125693E+00 a       939     1     7     2     3
 -1.7062374446788595E+00 a       940     1     7     2     4
 -1.4574796348234651E+00 a       941     1     7     2     5
  2.3848912768064965E+00 a       942     1     7     2     6
  1.4083557070632469E-01 a       943     1     7     2     7
  6.3684674063913349E-01 a       944     1     7     2     8
  8.2806699880326531E-02 a       945     1     7     2     9
  3.4276730589961202E-01 a       946     1     7     2    10
  2.1656135183451233E+00 a       947     1     7     2    11
 -9.3311315583577270E-01 a       948     1     7     2    12
  2.9229241231600080E+00 a       949     1     7     2    13
 -2.2294962379922492E+00 a       950     1     7     2    14
 -3.3221096284952911E-01 a       951     1     7     2    15
 -2.1345936324166463E+00 a       952     1     7     2    16
  1.9051198578957309E+00 a       953     1     7     2    17
  5.4436007865623437E-01 a       954     1     7     2    18
  1.6484859629398643E+00 a       955     1     7     2    19
 -4.3303593672884261E-01 a       956     1     7     2    20
 -1.6694093013652085E+00 a       957     1     7     2    21
 -4.4669806922682396E+00 a       958     1     7     2    22
 -2.2873969548243647E+00 a       959     1     7     2    23
 -2.5742781539994453E+00 a       960     1     7     2    24
 -5.4023965349517156E-01 a       961     1     8     2     1
 -1.9077085186817504E+00 a       962     1     8     2     2
 -1.1241118494150544E+00 a       963     1     8     2     3
 -2.1691485218640405E-01 a       964     1     8     2     4
 -1.1735005488431587E+00 a       965     1     8     2     5
 -3.5770414846253580E+00 a       966     1     8     2     6
 -2.0996727064796703E+00 a       967     1     8     2     7
  6.8925730385265804E-01 a       968     1     8     2     8
 -7.9847776259670378E-02 a       969     1     8     2     9
  2.5912983503976267E-01 a       970     1     8     2    10
 -7.3313557227341253E-01 a       971     1     8     2    11
 -2.0876990243346688E-01 a       972     1     8     2    12
  2.3664646851390465E+00 a       973     1     8     2    13
 -1.2024783514904245E+00 a       974     1     8     2    14
 -3.9189035819749258E+00 a       975     1     8     2    15
 -4.9211407383577632E-01 a       976     1     8     2    16
 -3.6269285692682646E-01 a       977     1     8     2    17
  8.2004376408307966E-01 a       978     1     8     2    18
  2.2300587545204413E+00 a       979     1     8     2    19
  5.7370570228238649E-01 a       980     1     8     2    20
 -1.0037280581907373E+00 a       981     1     8     2    21
 -5.9759189141052866E+00 a       982     1     8     2    22
 -4.3410087150529586E+00 a       983     1     8     2    23
  6.1427238821434682E-01 a       984     1     8     2    24
 -1.2219737239507378E-01 a       985     1     9     2     1
  9.9891455358438974E-01 a       986     1     9     2     2
  7.5203051022446421E-01 a       987     1     9     2     3
  1.1846982490249926E-01 a       988     1     9     2     4
  1.2848188838901159E-01 a       989     1     9     2     5
  2.0351082728034056E-01 a       990     1     9     2     6
  2.2807689848136619E+00 a       991     1     9     2     7
 -2.1810443002167639E+00 a       992     1     9     2     8
 -6.5430357845791279E-02 a       993     1     9     2     9
 -2.1214830335290272E-02 a       994     1     9     2    10
 -2.5856229055721119E-01 a       995     1     9     2    11
  1.9376352719715069E+00 a       996     1     9     2    12
 -3.6101123632431822E+00 a       997     1     9     2    13
 -1.0386782075564660E+00 a       998     1     9     2    14
  2.8022378548056746E+00 a       999     1     9     2    15
  1.6569246592295734E+00 a      1000     1     9     2    16
 -6.3742083386391002E-01 a      1001     1     9     2    17
 -9.2412022163575946E-01 a      1002     1     9     2    18
 -1.2054736184035542E+00 a      1003     1     9     2    19
 -4.4747071620676260E-01 a      1004     1     9     2    20
 -2.8315916560948512E-01 a      1005     1     9     2    21
  1.2045612606730671E+00 a      1006     1     9     2    22
  3.6755692113562262E+00 a      1007     1     9     2    23
 -5.4745679110008738E-01 a      1008     1     9     2    24
  6.5078720768860787E-01 a      1009     1    10     2     1
 -1.2937988431780973E+00 a      1010     1    10     2     2
  1.0407881155199772E+00 a      1011     1    10     2     3
  7.5880871990519438E-01 a      1012     1    10     2     4
  6.5055646932394706E-01 a      1013     1    10     2     5
  5.4572283868692999E-02 a      1014     1    10     2     6
 -1.9180697231493473E+00 a      1015     1    10     2     7
 -5.5198398057601195E-01 a      1016     1    10     2     8
  1.7416766930947463E+00 a      1017     1    10     2     9
  2.2467989933031305E+00 a      1018     1    10     2    10
  3.3469497698364710E+00 a      1019     1    10     2    11
 -4.9501167390783207E-01 a      1020     1    10     2    12
 -9.3317805939639542E-01 a      1021     1    10     2    13
  5.7123736485199377E+00 a      1022     1    10     2    14
  6.4873763350019131E-01 a      1023     1    10     2    15
 -4.8869457096550800E-01 a      1024     1    10     2    16
 -3.9839691522739101E-01 a      1025     1    10     2    17
 -7.2576696080742398E-01 a      1026     1    10     2    18
 -5.5407417762194111E-01 a      1027     1    10     2    19
  3.3253996186383428E+00 a      1028     1    10     2    20
 -6.4409481395508150E-01 a      1029     1    10     2    21
 -1.5238875097443119E+00 a      1030     1    10     2    22
  1.1869997513497654E-01 a      1031     1    10     2    23
 -2.3949933962091960E+00 a      1032     1    10     2    24
  1.0913392617363986E+00 a      1033     1    11     2     1
  5.7885283316671388E-01 a      1034     1    11     2     2
  4.1995916270966127E+00 a      1035     1    11     2     3
  3.2655625635632857E-01 a      1036     1    11     2     4
  6.5921039070943499E-01 a      1037     1    11     2     5
 -5.6910322086950815E+00 a      1038     1    11     2     6
  2.9716658620725847E+00 a      1039     1    11     2     7
  8.2047299553304684E-02 a      1040     1    11     2     8
  3.0570635689693954E-01 a      1041     1    11     2     9
  7.1545023794045870E-01 a      1042     1    11     2    10
  2.3418467972791454E-01 a      1043     1    11     2    11
 -4.2065817416838908E-01 a      1044     1    11     2    12
 -2.5446807317203164E+00 a      1045     1    11     2    13
  2.1031510534178590E+00 a      1046     1    11     2    14
  1.3704511280555782E+00 a      1047     1    11     2    15
  1.6297215910723895E+00 a      1048     1    11     2    16
 -8.6637768759297495E-01 a      1049     1    11     2    17
  4.3872648633221309E-02 a      1050     1    11     2    18
 -2.9302306850264193E-02 a      1051     1    11     2    19
 -4.8768104604671053E-01 a      1052     1    11     2    20
 -3.1371656000618025E+00 a      1053     1    11     2    21
  2.6975028430519914E+00 a      1054     1    11     2    22
  2.8261690171548837E-01 a      1055     1    11     2    23
 -4.0291154118701783E-01 a      1056     1    11     2    24
  1.2936597652077358E-01 a      1057     1    12     2     1
 -5.8708840041020094E-01 a      1058     1    12     2     2
 -1.5450812863780448E+00 a      1059     1    12     2     3
  7.6313511575049564E-01 a      1060     1    12     2     4
 -1.4680157363341588E+00 a      1061     1    12     2     5
  2.0399680183869018E-01 a      1062     1    12     2     6
  1.3437781202945469E+00 a      1063     1    12     2     7
  3.4872463046286861E+00 a      1064     1    12     2     8
 -3.2006157871567384E+00 a      1065     1    12     2     9
 -1.4202391357649296E+00 a      1066     1    12     2    10
 -2.9058242783255901E+00 a      1067     1    12     2    11
  2.3953460502389767E-01 a      1068     1    12     2    12
 -3.1114497933209662E-01 a      1069     1    12     2    13
 -1.8361057581029825E+00 a      1070     1    12     2    14
 -1.7835811954916736E-01 a      1071     1    12     2    15
  6.5448143523333591E-01 a      1072     1    12     2    16
  2.2955490269695349E+00 a      1073     1    12     2    17
 -8.3868073359732431E-01 a      1074     1    12     2    18
 -7.0299735985108358E-01 a      1075     1    12     2    19
 -1.4715442594203409E+00 a      1076     1    12     2    20
  2.2462865303630815E+00 a      1077     1    12     2    21
  1.4358666337471742E+00 a      1078     1    12     2    22
 -2.3386789888350887E-01 a      1079     1    12     2    23
  2.9352947281579351E+00 a      1080     1    12     2    24
 -6.4320445399734705E-01 a      1081     1    13     2     1
  9.2070887483784461E-02 a      1082     1    13     2     2
 -1.6056635231465923E+00 a      1083     1    13     2     3
 -1.1961598231762618E+00 a      1084     1    13     2     4
 -1.2697892544299028E+00 a      1085     1    13     2     5
  1.5806798051832689E+00 a      1086     1    13     2     6
 -1.5540704871604398E+00 a      1087     1    13     2     7
 -1.6503900856478353E+00 a      1088     1    13     2     8
 -8.6012554210693193E-01 a      1089     1    13     2     9
 -2.8632498492490432E-01 a      1090     1    13     2    10
  6.6438751344828417E-01 a      1091     1    13     2    11
  4.4920674221310558E-01 a      1092     1    13     2    12
  2.6912659958544829E+00 a      1093     1    13     2    13
 -8.7175907946867304E-01 a      1094     1    13     2    14
 -3.2622243371861419E+00 a      1095     1    13     2    15
  7.1423992840568895E-01 a      1096     1    13     2    16
  2.3494127516929231E-01 a      1097     1    13     2    17
  3.3978244202575708E-01 a      1098     1    13     2    18
  8.9735356781029341E-02 a      1099     1    13     2    19
 -1.7129657895406603E+00 a      1100     1    13     2    20
  7.5750192820389828E-01 a      1101     1    13     2    21
 -5.6436784192826572E-01 a      1102     1    13     2    22
 -3.0745107633687998E+00 a      1103     1    13     2    23
  1.1261859976276010E+00 a      1104     1    13     2    24
 -1.0439824964743105E+00 a      1105     1    14     2     1
  1.1618493459301535E+00 a      1106     1    14     2     2
 -3.2227312661493031E+00 a      1107     1    14     2     3
 -7.0748394721902796E-01 a      1108     1    14     2     4
 -9.7228750963423771E-01 a      1109     1    14     2     5
  3.1070028039217112E-01 a      1110     1    14     2     6
  9.5691543812597546E-01 a      1111     1    14     2     7
  3.1478041101820211E+00 a      1112     1    14     2     8
 -1.7252205703390009E+00 a      1113     1    14     2     9
 -9.8141048958217514E-01 a      1114     1    14     2    10
 -3.7132587136600752E+00 a      1115     1    14     2    11
 -1.8584549784309343E-01 a      1116     1    14     2    12
 -8.5796411304850562E-01 a      1117     1    14     2    13
 -4.7548399642995749E+00 a      1118     1    14     2    14
 -1.3955802282141907E+00 a      1119     1    14     2    15
  6.7533671923005423E-01 a      1120     1    14     2    16
  1.8123463701807019E+00 a      1121     1    14     2    17
 -2.1911989332224674E-01 a      1122     1    14     2    18
 -2.7333184095729551E-01 a      1123     1    14     2    19
 -3.6258263514217255E+00 a      1124     1    14     2    20
  9.5661701070682847E-01 a      1125     1    14     2    21
  1.6422246152690640E+00 a      1126     1    14     2    22
  2.2268123372812907E+00 a      1127     1    14     2    23
 -1.4284138525084671E+00 a      1128     1    14     2    24
  2.0796187421973302E+00 a      1129     1    15     2     1
  1.2668307828246819E+00 a      1130     1    15     2     2
  2.4308454076110868E+00 a      1131     1    15     2     3
  1.8940013594207181E+00 a      1132     1    15     2     4
  4.2204703091904683E-01 a      1133     1    15     2     5
 -4.4094306211281147E+00 a      1134     1    15     2     6
  4.7681605537385263E-01 a      1135     1    15     2     7
  2.1296932254623053E+00 a      1136     1    15     2     8
 -1.3292262304975306E+00 a      1137     1    15     2     9
 -1.4675518546781490E+00 a      1138     1    15     2    10
 -1.2954841140674942E+00 a      1139     1    15     2    11
  9.4427195564025468E-01 a      1140     1    15     2    12
  1.6493007141721097E+00 a      1141     1    15     2    13
 -4.4684568322055540E+00 a      1142     1    15     2    14
  4.2998101790896182E-01 a      1143     1    15     2    15
 -1.0245697602353869E+00 a      1144     1    15     2    16
  1.0281123417504801E+00 a      1145     1    15     2    17
 -4.1056260214274881E-01 a      1146     1    15     2    18
  3.8821069356840696E+00 a      1147     1    15     2    19
  8.2890121539522277E-01 a      1148     1    15     2    20
  7.5768675517559525E-01 a      1149     1    15     2    21
  3.6298324926715728E+00 a      1150     1    15     2    22
 -3.2555842256221195E+00 a      1151     1    15     2    23
 -4.7989264581284233E-02 a      1152     1    15     2    24
 -4.6144403046660225E-02 a      1153     1    16     2     1
  1.1679944879290085E+00 a      1154     1    16     2     2
 -1.3701448514243237E+00 a      1155     1    16     2     3
 -7.2742913740188331E-01 a      1156     1    16     2     4
  7.2285485612096412E-01 a      1157     1    16     2     5
  1.5769209210065569E+00 a      1158     1    16     2     6
 -4.1730699341418664E-01 a      1159     1    16     2     7
 -7.4420280001663197E-01 a      1160     1    16     2     8
  1.9130236972587071E+00 a      1161     1    16     2     9
 -2.3974894912680628E-01 a      1162     1    16     2    10
 -8.0794724619229286E-01 a      1163     1    16     2    11
 -3.1066501870240559E-01 a      1164     1    16     2    12
  2.4984232118537983E+00 a      1165     1    16     2    13
  9.2912856564222024E-01 a      1166     1    16     2    14
 -1.6144844103268940E-02 a      1167     1    16     2    15
 -3.8707995412740814E-01 a      1168     1    16     2    16
 -5.1614651185004679E-01 a      1169     1    16     2    17
 -2.3374020675700746E-01 a      1170     1    16     2    18
 -9.3555923684352515E-01 a      1171     1    16     2    19
 -3.1718878199024242E-01 a      1172     1    16     2    20
  3.7259055077000280E-01 a      1173     1    16     2    21
 -2.3820666602699143E+00 a      1174     1    16     2    22
  9.4082536737265299E-01 a      1175     1    16     2    23
  6.5275394897594530E-01 a      1176     1    16     2    24
 -8.3609780374491005E-01 a      1177     1    17     2     1
 -5.9239741973706350E-01 a      1178     1    17     2     2
 -1.5287809503212191E+00 a      1179     1    17     2     3
 -1.0439503698581782E+00 a      1180     1    17     2     4
 -8.3431743716075712E-01 a      1181     1    17     2     5
  2.7956916982584059E+00 a      1182     1    17     2     6
 -3.2837179069993510E+00 a      1183     1    17     2     7
 -2.4330109754725444E+00 a      1184     1    17     2     8
  3.5235838534966319E+00 a      1185     1    17     2     9
  5.6050688256800829E-01 a      1186     1    17     2    10
 -7.2768034811372140E-01 a      1187     1    17     2    11
 -3.2139749991378648E+00 a      1188     1    17     2    12
 -4.3339519641992846E-01 a      1189     1    17     2    13
  2.4623841185697430E+00 a      1190     1    17     2    14
 -1.5683858570228326E+00 a      1191     1    17     2    15
 -1.4575122930015985E+00 a      1192     1    17     2    16
 -5.4354108063999966E+00 a      1193     1    17     2    17
  2.3241992455353477E-01 a      1194     1    17     2    18
 -1.0494149962879278E+00 a      1195     1    17     2    19
  1.2643201867864724E+00 a      1196     1    17     2    20
  1.1990956208490013E+00 a      1197     1    17     2    21
 -4.2589406792733744E+00 a      1198     1    17     2    22
  1.6458446866951986E+00 a      1199     1    17     2    23
 -3.2157817228951266E+00 a      1200     1    17     2    24
 -8.2390291344282862E-01 a      1201     1    18     2     1
  5.2188019185976742E-01 a      1202     1    18     2     2
 -2.6495635386393035E+00 a      1203     1    18     2     3
  6.4857483636963953E-01 a      1204     1    18     2     4
 -2.8173807078009860E-01 a      1205     1    18     2     5
  1.4313913985250643E-02 a      1206     1    18     2     6
 -1.0421798147263370E+00 a      1207     1    18     2     7
  9.9478508877760297E-01 a      1208     1    18     2     8
  1.1736352421483069E+00 a      1209     1    18     2     9
 -1.6149528611134691E+00 a      1210     1    18     2    10
 -3.5464103695474919E-01 a      1211     1    18     2    11
  5.4303215124911652E-01 a      1212     1    18     2    12
 -1.3914805757112378E+00 a      1213     1    18     2    13
  1.9291766325545636E+00 a      1214     1    18     2    14
 -5.4101256848263501E-01 a      1215     1    18     2    15
  6.1752268259570819E-01 a      1216     1    18     2    16
 -2.1434934327003941E+00 a      1217     1    18     2    17
  5.6807998879221056E-01 a      1218     1    18     2    18
 -1.3349006588395993E+00 a      1219     1    18     2    19
  8.0050252679488076E-01 a      1220     1    18     2    20
  9.5677643718321170E-01 a      1221     1    18     2    21
 -3.4407978423418437E+00 a      1222     1    18     2    22
  2.6622983926014543E-01 a      1223     1    18     2    23
  1.7686934940295305E+00 a      1224     1    18     2    24
  1.6419515223192132E+00 a      1225     1    19     2     1
  9.4543943573162026E-01 a      1226     1    19     2     2
  9.7198966716951618E-01 a      1227     1    19     2     3
 -8.0665072312425579E-01 a      1228     1    19     2     4
 -2.8966146195795395E-01 a      1229     1    19     2     5
  1.0270549168574654E+00 a      1230     1    19     2     6
 -7.7612183333010765E-01 a      1231     1    19     2     7
  9.2694475505409657E-01 a      1232     1    19     2     8
 -1.4896905335917980E+00 a      1233     1    19     2     9
 -4.2981751282774810E-01 a      1234     1    19     2    10
 -2.4629597732673738E+00 a      1235     1    19     2    11
 -2.0197862591573101E+00 a      1236     1    19     2    12
  2.0914502192331810E+00 a      1237     1    19     2    13
  7.4333742922042445E-01 a      1238     1    19     2    14
  2.3472450874889417E-01 a      1239     1    19     2    15
  1.3831870844610109E-01 a      1240     1    19     2    16
 -8.1278547831653980E-01 a      1241     1    19     2    17
 -1.0747159087393456E+00 a      1242     1    19     2    18
 -1.5457842049322776E+00 a      1243     1    19     2    19
 -1.2546774964621596E-01 a      1244     1    19     2    20
  9.9508486431354604E-01 a      1245     1    19     2    21
  4.1877701510199685E+00 a      1246     1    19     2    22
 -1.3581126182888661E+00 a      1247     1    19     2    23
  1.7345009963742863E+00 a      1248     1    19     2    24
 -1.9650092394620575E+00 a      1249     1    20     2     1
 -8.3515500154426048E-01 a      1250     1    20     2     2
 -1.4573955948620256E+00 a      1251     1    20     2     3
 -3.9056674476832903E-01 a      1252     1    20     2     4
  9.7136344002660746E-02 a      1253     1    20     2     5
  2.6455752781833546E+00 a      1254     1    20     2     6
 -2.6019320637628449E+00 a      1255     1    20     2     7
  1.8542019353631992E-01 a      1256     1    20     2     8
 -1.9713873434710982E-01 a      1257     1    20     2     9
  1.2282983298865360E-01 a      1258     1    20     2    10
  7.7814067349306637E-01 a      1259     1    20     2    11
 -3.3493362101512297E-01 a      1260     1    20     2    12
  1.7204147448059830E+00 a      1261     1    20     2    13
 -2.2587360788136617E+00 a      1262     1    20     2    14
 -2.7825438691974058E-01 a      1263     1    20     2    15
 -1.5356201346134228E+00 a      1264     1    20     2    16
 -4.3378228598936433E-02 a      1265     1    20     2    17
  1.0947551667531779E+00 a      1266     1    20     2    18
  2.6980856705490008E-01 a      1267     1    20     2    19
 -1.1884468695221276E-01 a      1268     1    20     2    20
  8.2324161314774963E-02 a      1269     1    20     2    21
 -2.3971275728473818E+00 a      1270     1    20     2    22
  3.2468687978049755E-02 a      1271     1    20     2    23
  1.6523549821516340E-01 a      1272     1    20     2    24
  7.8373191509819984E-01 a      1273     1    21     2     1
  2.1882361637972256E-01 a      1274     1    21     2     2
  1.2704345886969328E+00 a      1275     1    21     2     3
  1.6608941350829558E+00 a      1276     1    21     2     4
  1.1849750838175515E+00 a      1277     1    21     2     5
 -2.1062999850488193E+00 a      1278     1    21     2     6
  2.2835362279523586E+00 a      1279     1    21     2     7
  1.1240690571270984E+00 a      1280     1    21     2     8
  1.0665908854730577E+00 a      1281     1    21     2     9
 -7.6744577968372543E-02 a      1282     1    21     2    10
  8.6607953906528934E-01 a      1283     1    21     2    11
 -1.1808099762955082E+00 a      1284     1    21     2    12
 -3.8861957895838399E+00 a      1285     1    21     2    13
 -1.8536611034741215E+00 a      1286     1    21     2    14
  1.4213320669436241E-01 a      1287     1    21     2    15
 -1.2308806592183958E+00 a      1288     1    21     2    16
  1.7245630031648063E+00 a      1289     1    21     2    17
 -3.9351756371492491E-01 a      1290     1    21     2    18
  2.1307041545130541E+00 a      1291     1    21     2    19
 -1.3039198856812850E+00 a      1292     1    21     2    20
 -5.2823656153317944E-01 a      1293     1    21     2    21
 -1.9737216653960465E+00 a      1294     1    21     2    22
  1.1741959834731590E+00 a      1295     1    21     2    23
 -5.4140299212374099E-01 a      1296     1    21     2    24
  4.0940539025364941E-01 a      1297     1    22     2     1
  2.8856073022740483E-02 a      1298     1    22     2     2
  2.0319141216627781E+00 a      1299     1    22     2     3
  1.7944906730207399E-01 a      1300     1    22     2     4
  5.9743263763945631E-01 a      1301     1    22     2     5
 -1.5119550970813528E-01 a      1302     1    22     2     6
  2.5539642560896478E+00 a      1303     1    22     2     7
 -3.6189552231135473E+00 a      1304     1    22     2     8
 -1.6335741477284154E+00 a      1305     1    22     2     9
  1.3504428184341057E+00 a      1306     1    22     2    10
 -5.8389524711034246E-01 a      1307     1    22     2    11
  3.9220968884709129E-01 a      1308     1    22     2    12
 -7.0386116197073789E-01 a      1309     1    22     2    13
 -2.2619365847109592E+00 a      1310     1    22     2    14
 -4.0417047385693000E-01 a      1311     1    22     2    15
  2.3882501178126014E-01 a      1312     1    22     2    16
  4.1148238251982916E-01 a      1313     1    22     2    17
  1.0111526487403704E+00 a      1314     1    22     2    18
  6.9683693126643587E-01 a      1315     1    22     2    19
 -3.1622675892386010E+00 a      1316     1    22     2    20
 -1.2578427501726666E+00 a      1317     1    22     2    21
  1.4957113083647704E+00 a      1318     1    22     2    22
 -2.7315273937816953E-01 a      1319     1    22     2    23
 -1.4988781375242670E+00 a      1320     1    22     2    24
 -5.6567187997334534E-01 a      1321     1    23     2     1
 -5.9505425508201837E-01 a      1322     1    23     2     2
 -3.6269671259262887E-01 a      1323     1    23     2     3
 -2.7036462920282822E-01 a      1324     1    23     2     4
  1.3191901552952514E+00 a      1325     1    23     2     5
  4.8176693802991061E-01 a      1326     1    23     2     6
 -6.9652473228627587E-01 a      1327     1    23     2     7
  4.6783408919152641E-01 a      1328     1    23     2     8
  7.7879611874272636E-01 a      1329     1    23     2     9
  1.0314408617408095E+00 a      1330     1    23     2    10
 -4.6120649605149172E-01 a      1331     1    23     2    11
 -1.9251133111921823E-01 a      1332     1    23     2    12
  3.8101167611186426E+00 a      1333     1    23     2    13
  7.2488258617616963E-01 a      1334     1    23     2    14
  8.6815406569353282E-01 a      1335     1    23     2    15
  9.1926725838755863E-01 a      1336     1    23     2    16
  1.7370247311132601E+00 a      1337     1    23     2    17
  7.3517711581123274E-02 a      1338     1    23     2    18
 -5.6017988552423437E-01 a      1339     1    23     2    19
 -2.0402637013482803E+00 a      1340     1    23     2    20
  8.7114548305520700E-01 a      1341     1    23     2    21
  5.7393420763274268E+00 a      1342     1    23     2    22
  1.0407087831501827E+00 a      1343     1    23     2    23
  2.0834976258243731E+00 a      1344     1    23     2    24
 -1.0542486060565577E+00 a      1345     1    24     2     1
 -7.2778078675866298E-01 a      1346     1    24     2     2
 -5.8485914598131650E-01 a      1347     1    24     2     3
 -2.1744041197332185E+00 a      1348     1    24     2     4
 -7.9812727303623532E-01 a      1349     1    24     2     5
  1.4434670316374751E-01 a      1350     1    24     2     6
  2.0611291994538905E+00 a      1351     1    24     2     7
 -3.8892780964591478E+00 a      1352     1    24     2     8
 -3.0787253366510359E-01 a      1353     1    24     2     9
  3.6030162129566573E-01 a      1354     1    24     2    10
  4.1564585721440817E-01 a      1355     1    24     2    11
 -1.0063629650630464E-01 a      1356     1    24     2    12
 -2.4420841736072476E+00 a      1357     1    24     2    13
 -1.5128357148907006E+00 a      1358     1    24     2    14
 -1.6963514606785750E+00 a      1359     1    24     2    15
  9.0610485982254396E-01 a      1360     1    24     2    16
 -1.5354124457375773E+00 a      1361     1    24     2    17
  3.2963306942463194E-01 a      1362     1    24     2    18
 -6.6615372445463195E-01 a      1363     1    24     2    19
 -3.9520064510331243E-01 a      1364     1    24     2    20
  5.5108947891181692E-01 a      1365     1    24     2    21
 -2.7240505011952432E+00 a      1366     1    24     2    22
  5.0154163884832192E-01 a      1367     1    24     2    23
 -1.2587090884111622E+00 a      1368     1    24     2    24
  5.4870298462796374E-01 b      1369     2     1
 -1.6411042103069078E+00 b      1370     2     2
  9.4702648382657906E-01 b      1371     2     3
  1.7195084735137982E+00 b      1372     2     4
  1.0524037662075283E+00 b      1373     2     5
 -1.3400170282566517E+00 b      1374     2     6
 -7.4731027952542806E-01 b      1375     2     7
  3.5799236464414737E+00 b      1376     2     8
  3.1088954713110933E-01 b      1377     2     9
  1.5218112630061800E+00 b      1378     2    10
  1.2084717769819266E+00 b      1379     2    11
  2.3096280076044104E+00 b      1380     2    12
  1.0794016681718757E-01 b      1381     2    13
  3.5869580652391315E+00 b      1382     2    14
  3.9641963512105995E+00 b      1383     2    15
  1.7426156667426445E+00 b      1384     2    16
  9.2904634265796560E-01 b      1385     2    17
  1.0778961056518472E+00 b      1386     2    18
 -1.1058385318488209E+00 b      1387     2    19
  2.2083233159648556E+00 b      1388     2    20
 -3.7656941830473234E-01 b      1389     2    21
  3.9677356377723485E+00 b      1390     2    22
  2.3457336168959722E+00 b      1391     2    23
  1.6857323843930836E+00 b      1392     2    24
 -8.5774727850271226E-01 a      1393     2     1     3     1
  7.1398127435890446E-01 a      1394     2     2     3     1
  6.9455910504045781E-01 a      1395     2     3     3     1
  7.7226395765057965E-01 a      1396     2     4     3     1
  6.8066181619066279E-01 a      1397     2     5     3     1
  3.3786540151486251E-02 a      1398     2     6     3     1
 -5.0519633351470983E-01 a      1399     2     7     3     1
 -7.0466316365053357E-03 a      1400     2     8     3     1
  2.0289540593432623E-01 a      1401     2     9     3     1
 -6.5313007558322067E-01 a      1402     2    10     3     1
  1.4822966827468537E-01 a      1403     2    11     3     1
 -5.4714091608116844E-01 a      1404     2    12     3     1
 -3.7483257724573900E-02 a      1405     2    13     3     1
  7.1834335661879467E-01 a      1406     2    14     3     1
 -7.0008918258539843E-01 a      1407     2    15     3     1
  8.0056316719228759E-01 a      1408     2    16     3     1
  1.9538579116869889E-01 a      1409     2    17     3     1
 -4.6276276715241943E-01 a      1410     2    18     3     1
 -3.0317937243503185E-01 a      1411     2    19     3     1
 -3.5098688022199220E-01 a      1412     2    20     3     1
 -5.1267769204494218E-01 a      1413     2    21     3     1
 -7.6079472949888566E-02 a      1414     2    22     3     1
  4.3686637118407412E-01 a      1415     2    23     3     1
 -1.1586204971893053E+00 a      1416     2    24     3     1
  3.4444076045588974E-02 b      1417     3     1
