################################################################################
# Neural network connection values (weights and biases).
################################################################################
# Col  Name       Description
################################################################################
# 1    connection Neural network connection value.
# 2    t          Connection type (a = weight, b = bias).
# 3    index      Index enumerating weights.
# 4    l_s        Starting point layer (end point layer for biases).
# 5    n_s        Starting point neuron in starting layer (end point neuron for biases).
# 6    l_e        End point layer.
# 7    n_e        End point neuron in end layer.
################################################################################
#                      1 2         3     4     5     6     7
#             connection t     index   l_s   n_s   l_e   n_e
############################################################
 -1.1720616779591354E-01 a         1     0     1     1     1
  7.1533123763574416E-02 a         2     0     1     1     2
  3.9333782803385819E-01 a         3     0     1     1     3
 -5.3443668130292055E-01 a         4     0     1     1     4
 -2.6111834746979928E-01 a         5     0     1     1     5
 -8.1189959608475873E-02 a         6     0     1     1     6
 -2.0214091210664500E-01 a         7     0     1     1     7
  2.4682965858217179E-01 a         8     0     1     1     8
 -9.7343123743113480E-01 a         9     0     1     1     9
  4.0858068606742221E-01 a        10     0     1     1    10
 -4.7129525428520963E-01 a        11     0     1     1    11
  9.1446835644503927E-02 a        12     0     1     1    12
 -5.5749393296272676E-01 a        13     0     1     1    13
  1.9136039724798898E-01 a        14     0     1     1    14
  2.2168652144642673E-01 a        15     0     1     1    15
 -2.2950309322273177E-01 a        16     0     1     1    16
 -4.8079673263695964E-02 a        17     0     1     1    17
 -6.7493288768005966E-01 a        18     0     1     1    18
 -6.5537356263049051E-01 a        19     0     1     1    19
 -8.0905102279265073E-01 a        20     0     1     1    20
  3.5084291034088561E-01 a        21     0     1     1    21
 -8.5786775107507429E-01 a        22     0     1     1    22
 -2.0152592110656461E-01 a        23     0     1     1    23
 -6.2516613882086547E-01 a        24     0     1     1    24
 -5.8313437569563964E-01 a        25     0     2     1     1
  4.8148210438166866E-01 a        26     0     2     1     2
  1.4615612417036286E-01 a        27     0     2     1     3
 -8.1792778594000726E-01 a        28     0     2     1     4
 -1.0801785172348706E+00 a        29     0     2     1     5
  8.0550416822176518E-01 a        30     0     2     1     6
 -1.6361671267258615E-01 a        31     0     2     1     7
  4.4616368013540819E-01 a        32     0     2     1     8
  6.1274238840388784E-01 a        33     0     2     1     9
  3.6015642631793904E-01 a        34     0     2     1    10
 -5.4629329095276243E-02 a        35     0     2     1    11
 -7.1427199834015936E-02 a        36     0     2     1    12
  7.1464998714700467E-02 a        37     0     2     1    13
 -6.1457791835511644E-01 a        38     0     2     1    14
  2.9409143466021664E-01 a        39     0     2     1    15
 -2.7744200815635933E-01 a        40     0     2     1    16
 -3.9797696728716420E-01 a        41     0     2     1    17
 -7.5981256593047797E-01 a        42     0     2     1    18
 -9.3988200859943116E-01 a        43     0     2     1    19
 -1.0246228809176450E-01 a        44     0     2     1    20
  1.6774650429161453E-01 a        45     0     2     1    21
 -3.9966183461446397E-01 a        46     0     2     1    22
  5.0921749231671809E-01 a        47     0     2     1    23
 -3.8663156676069249E-01 a        48     0     2     1    24
 -1.0123450094812925E-01 a        49     0     3     1     1
  6.1446390998786038E-01 a        50     0     3     1     2
 -1.0979394245389837E+00 a        51     0     3     1     3
  1.0842466593309315E+00 a        52     0     3     1     4
  9.7002545917674077E-01 a        53     0     3     1     5
 -7.7091957172844983E-01 a        54     0     3     1     6
  6.6896193597102704E-01 a        55     0     3     1     7
  5.4515074560665999E-01 a        56     0     3     1     8
 -7.4250183427765859E-01 a        57     0     3     1     9
  3.8723058844797165E-01 a        58     0     3     1    10
  4.8664772437811803E-02 a        59     0     3     1    11
  1.6445039708386319E-01 a        60     0     3     1    12
  9.5340318676527502E-01 a        61     0     3     1    13
  3.6744439000800760E-01 a        62     0     3     1    14
  5.1811182239942888E-01 a        63     0     3     1    15
 -5.0692851558679819E-01 a        64     0     3     1    16
  2.8231321445466678E-01 a        65     0     3     1    17
  8.2498425450890578E-01 a        66     0     3     1    18
 -1.0797494978591167E+00 a        67     0     3     1    19
  9.9336365913609614E-01 a        68     0     3     1    20
 -5.8550807834019247E-01 a        69     0     3     1    21
  1.1185612621249175E+00 a        70     0     3     1    22
  1.1891187490087387E+00 a        71     0     3     1    23
  1.2501054838101308E-01 a        72     0     3     1    24
  6.2549559625980702E-02 a        73     0     4     1     1
 -5.0414696824056271E-01 a        74     0     4     1     2
 -7.1332384392787307E-01 a        75     0     4     1     3
  1.5864593697789584E-01 a        76     0     4     1     4
 -3.0347821017232296E-01 a        77     0     4     1     5
 -8.1820321593609581E-04 a        78     0     4     1     6
  6.4041773829954662E-01 a        79     0     4     1     7
  8.9041542240419699E-02 a        80     0     4     1     8
  2.5566404184355901E-01 a        81     0     4     1     9
  9.9469256668842820E-01 a        82     0     4     1    10
  1.8611815487748573E-01 a        83     0     4     1    11
  8.1944618313324291E-01 a        84     0     4     1    12
 -3.8458192142930631E-01 a        85     0     4     1    13
 -4.3941221242519041E-01 a        86     0     4     1    14
  4.6156325350699606E-01 a        87     0     4     1    15
  9.6472530422583458E-01 a        88     0     4     1    16
  6.8434209538175883E-01 a        89     0     4     1    17
 -2.2039570017028648E-01 a        90     0     4     1    18
 -5.2114410651841103E-01 a        91     0     4     1    19
 -1.7792110739003381E-01 a        92     0     4     1    20
  6.4234407153540105E-02 a        93     0     4     1    21
  1.4475260275133482E-02 a        94     0     4     1    22
 -8.9087046634825473E-01 a        95     0     4     1    23
  3.4580191907084251E-01 a        96     0     4     1    24
  4.8675535336579456E-01 a        97     0     5     1     1
  9.9775783298377774E-01 a        98     0     5     1     2
  7.6433333037949236E-01 a        99     0     5     1     3
  4.1686765244284629E-01 a       100     0     5     1     4
 -1.0911923092736905E-02 a       101     0     5     1     5
  1.4407878142930028E+00 a       102     0     5     1     6
  2.6016324776576077E-01 a       103     0     5     1     7
 -1.3505463806293383E-01 a       104     0     5     1     8
  5.5882883264615224E-01 a       105     0     5     1     9
  4.4761110716369473E-01 a       106     0     5     1    10
  9.7205040297353762E-01 a       107     0     5     1    11
  4.1350727304482493E-01 a       108     0     5     1    12
 -6.0826566122400527E-01 a       109     0     5     1    13
  4.1858919586671878E-01 a       110     0     5     1    14
 -2.9740216868200525E-01 a       111     0     5     1    15
 -8.4157404332420449E-01 a       112     0     5     1    16
  6.5340537575187407E-01 a       113     0     5     1    17
  2.0239586136849089E-01 a       114     0     5     1    18
  6.8206409856588501E-01 a       115     0     5     1    19
  2.1725286896574472E-01 a       116     0     5     1    20
  6.2231426424180858E-01 a       117     0     5     1    21
  1.7544835544339715E-01 a       118     0     5     1    22
 -9.4535999306054053E-02 a       119     0     5     1    23
  4.4029723663485248E-01 a       120     0     5     1    24
  2.1234816455470673E-01 a       121     0     6     1     1
  3.0896024932735011E-01 a       122     0     6     1     2
  4.7775007928864371E-01 a       123     0     6     1     3
  1.0324030633175639E-01 a       124     0     6     1     4
 -1.5973942916378364E-01 a       125     0     6     1     5
 -3.9706037258071697E-01 a       126     0     6     1     6
  7.5073628742872089E-01 a       127     0     6     1     7
 -9.6094398841503426E-01 a       128     0     6     1     8
  8.8083871883994891E-01 a       129     0     6     1     9
 -8.0907111769548223E-01 a       130     0     6     1    10
 -8.7197987394044896E-01 a       131     0     6     1    11
 -1.5189354581554892E-01 a       132     0     6     1    12
  6.0499615037417065E-01 a       133     0     6     1    13
  5.0701340070280720E-01 a       134     0     6     1    14
 -2.2126911472945869E-02 a       135     0     6     1    15
 -1.1979049563545056E-03 a       136     0     6     1    16
  1.5577013961790342E-01 a       137     0     6     1    17
 -7.1587103801264901E-02 a       138     0     6     1    18
 -4.4893551491515238E-01 a       139     0     6     1    19
 -2.1110154081716955E-02 a       140     0     6     1    20
  3.0089508573543677E-01 a       141     0     6     1    21
  6.8200300201602460E-01 a       142     0     6     1    22
 -4.8123509869821612E-01 a       143     0     6     1    23
  3.6977513866219081E-01 a       144     0     6     1    24
 -4.2034360717108710E-01 a       145     0     7     1     1
 -6.6836809263158348E-01 a       146     0     7     1     2
  3.7559400646594099E-01 a       147     0     7     1     3
 -5.6159077967525894E-02 a       148     0     7     1     4
  1.8621981513470504E-01 a       149     0     7     1     5
  4.8754613454171758E-01 a       150     0     7     1     6
 -8.0127692701117559E-01 a       151     0     7     1     7
 -8.5312092038537873E-02 a       152     0     7     1     8
 -1.3584074106474522E-01 a       153     0     7     1     9
 -2.0728673718112400E-01 a       154     0     7     1    10
 -1.7606646563362049E-01 a       155     0     7     1    11
 -7.3459546747787641E-01 a       156     0     7     1    12
  7.9141366478953257E-01 a       157     0     7     1    13
 -1.0045387431838353E+00 a       158     0     7     1    14
  6.7661712306245936E-01 a       159     0     7     1    15
  5.2765564564117629E-01 a       160     0     7     1    16
  4.3194156481328011E-01 a       161     0     7     1    17
  9.1163227779273615E-01 a       162     0     7     1    18
  2.1014475247859679E-01 a       163     0     7     1    19
  3.1691464199725278E-01 a       164     0     7     1    20
  1.4071076335091767E-01 a       165     0     7     1    21
  6.4573774100815073E-01 a       166     0     7     1    22
  3.7460896808609889E-01 a       167     0     7     1    23
  5.3303917157923431E-01 a       168     0     7     1    24
 -4.8516353669739620E-01 a       169     0     8     1     1
  6.6977288258790332E-02 a       170     0     8     1     2
  4.1833926249425801E-01 a       171     0     8     1     3
  3.3240418910610636E-01 a       172     0     8     1     4
 -1.4187501354231932E-01 a       173     0     8     1     5
 -5.4317656082421895E-01 a       174     0     8     1     6
 -9.2968778133182758E-02 a       175     0     8     1     7
  7.0472455597559303E-01 a       176     0     8     1     8
 -6.2788231347318380E-01 a       177     0     8     1     9
  4.0352476792015129E-01 a       178     0     8     1    10
 -6.5441626025382160E-01 a       179     0     8     1    11
 -3.3028042755098130E-01 a       180     0     8     1    12
  2.2269154356146109E-01 a       181     0     8     1    13
 -2.2748090828569584E-01 a       182     0     8     1    14
 -3.7435443059254520E-01 a       183     0     8     1    15
  5.6160216074530023E-01 a       184     0     8     1    16
 -5.4610905390663844E-01 a       185     0     8     1    17
 -5.1268263577971562E-01 a       186     0     8     1    18
  3.7985852396516855E-02 a       187     0     8     1    19
 -7.7129712796420746E-01 a       188     0     8     1    20
  1.1149480538480498E-01 a       189     0     8     1    21
 -1.0455183619637538E+00 a       190     0     8     1    22
 -4.8029415552092897E-01 a       191     0     8     1    23
 -4.0084715467449017E-01 a       192     0     8     1    24
  1.4169530848540113E-03 a       193     0     9     1     1
 -5.1629224164687337E-01 a       194     0     9     1     2
 -1.1396944522176631E+00 a       195     0     9     1     3
  1.5671592349758459E-01 a       196     0     9     1     4
  5.3377010993705831E-01 a       197     0     9     1     5
  1.6444718925877350E-01 a       198     0     9     1     6
 -4.0677034845079807E-01 a       199     0     9     1     7
  2.8859794844636266E-01 a       200     0     9     1     8
 -5.4814009564158925E-02 a       201     0     9     1     9
 -4.5055561625444873E-01 a       202     0     9     1    10
  1.9460389316939422E-01 a       203     0     9     1    11
  5.2214054886491368E-01 a       204     0     9     1    12
 -1.0001263724358807E+00 a       205     0     9     1    13
 -1.6188557089430539E-01 a       206     0     9     1    14
  3.3855305465098490E-01 a       207     0     9     1    15
  5.7508529980395358E-02 a       208     0     9     1    16
 -3.3874817326202439E-01 a       209     0     9     1    17
 -1.0076898433515764E+00 a       210     0     9     1    18
 -7.0967333696527390E-01 a       211     0     9     1    19
 -3.4709783957516988E-01 a       212     0     9     1    20
  1.9142962548818643E-01 a       213     0     9     1    21
  6.3119930440643818E-02 a       214     0     9     1    22
  1.5442473860856457E-01 a       215     0     9     1    23
  1.1144508676808605E-01 a       216     0     9     1    24
 -2.5558438999223992E-01 a       217     0    10     1     1
 -9.0992044321481846E-01 a       218     0    10     1     2
  1.7940347637131632E-01 a       219     0    10     1     3
  5.2497856932071353E-02 a       220     0    10     1     4
  4.2709717440805084E-01 a       221     0    10     1     5
 -1.4373312251244261E-01 a       222     0    10     1     6
  1.1595580965585115E+00 a       223     0    10     1     7
  1.2116799809567369E+00 a       224     0    10     1     8
 -7.0497306506487933E-01 a       225     0    10     1     9
  9.3531159219215276E-01 a       226     0    10     1    10
 -3.2431608641899029E-01 a       227     0    10     1    11
 -1.1186669156966331E+00 a       228     0    10     1    12
 -5.9284320311813987E-01 a       229     0    10     1    13
  8.4328489748077340E-01 a       230     0    10     1    14
 -4.7868063562918450E-01 a       231     0    10     1    15
 -6.8987810128446947E-01 a       232     0    10     1    16
  9.8058043764720784E-02 a       233     0    10     1    17
 -1.2569059769524327E-01 a       234     0    10     1    18
  1.2860702158274695E-01 a       235     0    10     1    19
  8.2048684093271129E-01 a       236     0    10     1    20
  4.5426065667017129E-01 a       237     0    10     1    21
 -9.4144832900182285E-01 a       238     0    10     1    22
  5.1318326631433486E-01 a       239     0    10     1    23
 -4.5632995792706421E-01 a       240     0    10     1    24
  2.4258213852384450E-01 a       241     0    11     1     1
 -4.0749759755495812E-01 a       242     0    11     1     2
  3.1185045728286875E-01 a       243     0    11     1     3
 -6.4618574103150939E-01 a       244     0    11     1     4
 -4.5617659564872937E-01 a       245     0    11     1     5
 -3.2738234613273764E-01 a       246     0    11     1     6
 -1.5982964269792918E-01 a       247     0    11     1     7
  5.3243563631024060E-01 a       248     0    11     1     8
 -5.4166886708971296E-01 a       249     0    11     1     9
 -8.2921387884927000E-01 a       250     0    11     1    10
 -8.4764469541497456E-01 a       251     0    11     1    11
 -5.8948248801453151E-01 a       252     0    11     1    12
 -1.2423428935543079E+00 a       253     0    11     1    13
 -6.0060994085483564E-02 a       254     0    11     1    14
  1.0612578291617394E+00 a       255     0    11     1    15
  3.6462575274780717E-01 a       256     0    11     1    16
  4.4735903501755536E-01 a       257     0    11     1    17
 -1.1593272843410878E+00 a       258     0    11     1    18
 -2.0302062083389455E-01 a       259     0    11     1    19
  3.1220776143459056E-01 a       260     0    11     1    20
 -8.6485209803912033E-01 a       261     0    11     1    21
  4.0489626264879991E-01 a       262     0    11     1    22
  3.1356407176015337E-02 a       263     0    11     1    23
  5.3336645974915574E-02 a       264     0    11     1    24
  9.1020644069420831E-01 a       265     0    12     1     1
 -9.4558994784659978E-01 a       266     0    12     1     2
 -5.2333488223713098E-01 a       267     0    12     1     3
 -6.9829121561093799E-01 a       268     0    12     1     4
  8.6983769650421969E-02 a       269     0    12     1     5
 -2.7749866983265814E-01 a       270     0    12     1     6
  1.1501356845305591E-01 a       271     0    12     1     7
  2.1098670891748178E-01 a       272     0    12     1     8
 -2.8825818730872083E-01 a       273     0    12     1     9
 -1.5103731158340628E-01 a       274     0    12     1    10
 -8.0130352183878051E-01 a       275     0    12     1    11
  4.2604135365285789E-02 a       276     0    12     1    12
  5.4641538270236456E-01 a       277     0    12     1    13
  8.9874838264042567E-01 a       278     0    12     1    14
  3.5053531858427922E-01 a       279     0    12     1    15
 -5.5055782233190331E-01 a       280     0    12     1    16
 -6.7666780036855689E-01 a       281     0    12     1    17
  5.8758080297241255E-01 a       282     0    12     1    18
 -1.0987513162076366E+00 a       283     0    12     1    19
  6.7232127424760812E-02 a       284     0    12     1    20
 -4.3529999695959759E-01 a       285     0    12     1    21
  1.1672346899059305E+00 a       286     0    12     1    22
  9.9662574187808317E-01 a       287     0    12     1    23
  8.2708041653398690E-01 a       288     0    12     1    24
  2.7536862367914056E-01 a       289     0    13     1     1
 -1.4104452085326968E-01 a       290     0    13     1     2
  8.3922833942912367E-01 a       291     0    13     1     3
 -1.0700730092568678E+00 a       292     0    13     1     4
 -2.1394229867830364E-02 a       293     0    13     1     5
 -7.3563501639802531E-01 a       294     0    13     1     6
  1.5676217919834221E-01 a       295     0    13     1     7
  8.0696857302384239E-02 a       296     0    13     1     8
  9.6372635320755323E-02 a       297     0    13     1     9
  6.9785559448577783E-01 a       298     0    13     1    10
  2.9811989799565819E-01 a       299     0    13     1    11
  1.8197119967967337E-01 a       300     0    13     1    12
  4.3249037963192311E-01 a       301     0    13     1    13
  7.1364630984835120E-01 a       302     0    13     1    14
 -6.8720574288352332E-01 a       303     0    13     1    15
  4.0453716823127317E-02 a       304     0    13     1    16
 -3.2001279163899310E-01 a       305     0    13     1    17
  4.5061666428185349E-02 a       306     0    13     1    18
  3.0000807374123889E-01 a       307     0    13     1    19
 -8.6360003447296566E-02 a       308     0    13     1    20
  2.5529315058329399E-01 a       309     0    13     1    21
 -5.0157803038877169E-01 a       310     0    13     1    22
  8.7870225510686417E-01 a       311     0    13     1    23
  9.9821722479868935E-01 a       312     0    13     1    24
 -2.9074329115158731E-01 a       313     0    14     1     1
  8.2740496627717236E-02 a       314     0    14     1     2
  9.2799550527237862E-01 a       315     0    14     1     3
  4.1836787256980063E-02 a       316     0    14     1     4
 -7.8569699161612661E-01 a       317     0    14     1     5
  6.3141639623271306E-01 a       318     0    14     1     6
 -4.4003143691452445E-01 a       319     0    14     1     7
  5.0386427730513816E-01 a       320     0    14     1     8
 -5.6646787923255559E-01 a       321     0    14     1     9
  4.5840874637964385E-01 a       322     0    14     1    10
  2.3467556905192311E-01 a       323     0    14     1    11
 -2.0394618708073403E-01 a       324     0    14     1    12
  8.3873581897441971E-02 a       325     0    14     1    13
  4.4392011738809883E-02 a       326     0    14     1    14
 -1.4955851583130705E-01 a       327     0    14     1    15
  6.7681513697409301E-01 a       328     0    14     1    16
  2.0527287452012898E-02 a       329     0    14     1    17
  3.4304161823834941E-03 a       330     0    14     1    18
 -3.6808160007976121E-01 a       331     0    14     1    19
  7.2872279786839622E-01 a       332     0    14     1    20
  6.8832830788345434E-01 a       333     0    14     1    21
 -4.1198131469867394E-01 a       334     0    14     1    22
  2.8133464893964377E-01 a       335     0    14     1    23
 -4.9609565041842957E-01 a       336     0    14     1    24
  5.8130088460320672E-01 a       337     0    15     1     1
 -8.8068671387485475E-02 a       338     0    15     1     2
 -3.6473301264201891E-01 a       339     0    15     1     3
  6.0927271477345901E-01 a       340     0    15     1     4
 -5.8193775144549792E-02 a       341     0    15     1     5
 -5.6986046762334222E-02 a       342     0    15     1     6
 -4.2292076415910823E-01 a       343     0    15     1     7
 -5.6446502782410013E-01 a       344     0    15     1     8
  4.4630625033894794E-01 a       345     0    15     1     9
 -2.6793034003822624E-01 a       346     0    15     1    10
 -3.7087124425045326E-01 a       347     0    15     1    11
 -5.7085208859873260E-01 a       348     0    15     1    12
 -6.3553169991519487E-01 a       349     0    15     1    13
  9.6951631844359037E-02 a       350     0    15     1    14
 -4.3287946578731124E-01 a       351     0    15     1    15
 -6.2039431160289982E-01 a       352     0    15     1    16
  3.5182623518406737E-02 a       353     0    15     1    17
  5.1830317214808796E-01 a       354     0    15     1    18
  5.1238971980282011E-01 a       355     0    15     1    19
  5.0517007989046125E-02 a       356     0    15     1    20
 -8.0532823482027205E-01 a       357     0    15     1    21
  1.1313722736692273E+00 a       358     0    15     1    22
 -4.8213582797668542E-01 a       359     0    15     1    23
 -9.3456667048159259E-01 a       360     0    15     1    24
  5.4786918586541555E-01 a       361     0    16     1     1
 -5.2090614621406062E-01 a       362     0    16     1     2
  3.7676966229957187E-01 a       363     0    16     1     3
  9.3992706733678855E-01 a       364     0    16     1     4
 -2.5762755332621307E-01 a       365     0    16     1     5
  5.5777600219672585E-01 a       366     0    16     1     6
  6.8065665443609846E-01 a       367     0    16     1     7
 -4.3761956988563427E-01 a       368     0    16     1     8
  3.2386034373910738E-01 a       369     0    16     1     9
 -2.1734169355999558E-01 a       370     0    16     1    10
 -6.9145259743243948E-01 a       371     0    16     1    11
  1.6493590815583433E-02 a       372     0    16     1    12
  5.1839648298029561E-01 a       373     0    16     1    13
  3.0732302876790391E-01 a       374     0    16     1    14
 -2.5033205031364703E-01 a       375     0    16     1    15
 -1.7231006867142692E-01 a       376     0    16     1    16
  1.2256617261440121E+00 a       377     0    16     1    17
 -2.0389275468022119E-01 a       378     0    16     1    18
 -7.2660828072454131E-01 a       379     0    16     1    19
 -4.2433884995762855E-01 a       380     0    16     1    20
 -2.3218323286852319E-01 a       381     0    16     1    21
  9.9685473400525249E-01 a       382     0    16     1    22
  2.3142555084886349E-01 a       383     0    16     1    23
  8.2142850580795443E-02 a       384     0    16     1    24
 -8.9028191358028835E-02 a       385     0    17     1     1
  4.3159991726076785E-01 a       386     0    17     1     2
  3.4551899644206413E-01 a       387     0    17     1     3
 -3.8236482212930106E-01 a       388     0    17     1     4
 -5.8107971470577369E-01 a       389     0    17     1     5
  4.2710663748300137E-01 a       390     0    17     1     6
 -1.7985565743849499E-01 a       391     0    17     1     7
 -4.8166087768514909E-01 a       392     0    17     1     8
  4.5735542501432780E-01 a       393     0    17     1     9
  3.3887686976470244E-01 a       394     0    17     1    10
 -4.0769874100092185E-01 a       395     0    17     1    11
 -5.0792222531842657E-01 a       396     0    17     1    12
 -2.2146073084557047E-01 a       397     0    17     1    13
  1.3714825420042337E-01 a       398     0    17     1    14
  7.8127956614953364E-02 a       399     0    17     1    15
 -5.4019829159867772E-01 a       400     0    17     1    16
 -1.5271466595877076E-01 a       401     0    17     1    17
  4.4865721075536752E-01 a       402     0    17     1    18
  5.4271305978060835E-01 a       403     0    17     1    19
  5.8376126556389829E-01 a       404     0    17     1    20
 -1.3098250281114736E+00 a       405     0    17     1    21
  3.9026953753417309E-01 a       406     0    17     1    22
  4.4465417694266623E-01 a       407     0    17     1    23
 -4.0148902990491492E-01 a       408     0    17     1    24
 -9.1804580842291553E-02 a       409     0    18     1     1
 -5.8962612701702366E-01 a       410     0    18     1     2
  5.7536530203438829E-01 a       411     0    18     1     3
 -6.3937325801473488E-02 a       412     0    18     1     4
 -1.9641526247408758E-01 a       413     0    18     1     5
  6.4130895570007984E-01 a       414     0    18     1     6
  1.8893698501781905E-01 a       415     0    18     1     7
  1.7374695211017308E-01 a       416     0    18     1     8
 -3.1924912797244076E-01 a       417     0    18     1     9
 -3.3752709130493064E-01 a       418     0    18     1    10
 -1.1886428076347462E+00 a       419     0    18     1    11
 -9.1264987969670031E-01 a       420     0    18     1    12
  6.4089904068871995E-01 a       421     0    18     1    13
 -1.7360050487001391E-01 a       422     0    18     1    14
 -2.2049919431714576E-01 a       423     0    18     1    15
  5.3994480578103554E-01 a       424     0    18     1    16
  2.1488959672582236E-01 a       425     0    18     1    17
 -9.7914034958481810E-01 a       426     0    18     1    18
  4.8225468599993093E-01 a       427     0    18     1    19
 -8.4215438248278074E-01 a       428     0    18     1    20
 -6.6111230009800237E-01 a       429     0    18     1    21
  2.2964914321925256E-01 a       430     0    18     1    22
 -9.0837163742925198E-01 a       431     0    18     1    23
 -1.5054609467304803E-01 a       432     0    18     1    24
  1.1098234906279547E-01 a       433     0    19     1     1
  5.3032380585169977E-03 a       434     0    19     1     2
 -4.7650041639243440E-01 a       435     0    19     1     3
  2.5812880188788478E-01 a       436     0    19     1     4
 -3.5864789355733229E-01 a       437     0    19     1     5
  6.0670642093380001E-01 a       438     0    19     1     6
 -7.8623372791330012E-02 a       439     0    19     1     7
  3.6528874138752171E-01 a       440     0    19     1     8
  4.3857710786917398E-01 a       441     0    19     1     9
  6.0349695750193066E-01 a       442     0    19     1    10
 -8.8200743828438566E-01 a       443     0    19     1    11
 -9.7469408530331703E-02 a       444     0    19     1    12
  1.0510128048377831E+00 a       445     0    19     1    13
 -2.9205576450821902E-01 a       446     0    19     1    14
 -3.0091708858435123E-01 a       447     0    19     1    15
 -3.0108964381931197E-02 a       448     0    19     1    16
  1.1090036080709401E-01 a       449     0    19     1    17
  4.8020760801478968E-01 a       450     0    19     1    18
  5.3830406524674683E-02 a       451     0    19     1    19
 -2.0074363586768107E-01 a       452     0    19     1    20
  1.2030832545973308E-01 a       453     0    19     1    21
  6.6782064192289425E-01 a       454     0    19     1    22
 -1.0559974550909228E-02 a       455     0    19     1    23
  2.7865758922261663E-01 a       456     0    19     1    24
 -1.3254644668436011E-01 a       457     0    20     1     1
  4.1824509084453027E-01 a       458     0    20     1     2
  2.5831433227432993E-01 a       459     0    20     1     3
  2.3106687630497938E-01 a       460     0    20     1     4
  2.0722142876931426E-02 a       461     0    20     1     5
  8.5926498471093926E-01 a       462     0    20     1     6
  3.9504950856610888E-01 a       463     0    20     1     7
  1.0571297771073265E+00 a       464     0    20     1     8
  1.1255817749391698E-02 a       465     0    20     1     9
  2.2017712804823272E-01 a       466     0    20     1    10
  6.1332932400056495E-01 a       467     0    20     1    11
  6.4023611187731400E-01 a       468     0    20     1    12
  8.7045530327758602E-01 a       469     0    20     1    13
 -5.3998838814523809E-01 a       470     0    20     1    14
  3.6242478866763234E-01 a       471     0    20     1    15
 -6.5116097759379965E-01 a       472     0    20     1    16
 -1.2944117306348313E-01 a       473     0    20     1    17
  7.6493823067169731E-01 a       474     0    20     1    18
 -4.4925825699794103E-01 a       475     0    20     1    19
  5.7423245109841548E-01 a       476     0    20     1    20
  6.6195286080654461E-02 a       477     0    20     1    21
 -4.7086349504604108E-01 a       478     0    20     1    22
  3.4936288151822281E-01 a       479     0    20     1    23
  6.2696298508778803E-01 a       480     0    20     1    24
  3.2683362644038089E-01 a       481     0    21     1     1
 -6.6612813182362163E-01 a       482     0    21     1     2
  8.7454371647553819E-01 a       483     0    21     1     3
  9.9116136096722818E-01 a       484     0    21     1     4
 -8.2914501249704564E-01 a       485     0    21     1     5
 -1.0403753254923949E+00 a       486     0    21     1     6
 -3.3058139947470883E-01 a       487     0    21     1     7
 -6.8838845322872710E-01 a       488     0    21     1     8
 -7.9080673204296192E-01 a       489     0    21     1     9
 -3.7566270615100411E-01 a       490     0    21     1    10
  4.4431652631886442E-01 a       491     0    21     1    11
 -8.9469078435975868E-01 a       492     0    21     1    12
  4.3552101967135814E-01 a       493     0    21     1    13
 -9.4589865979122922E-01 a       494     0    21     1    14
  4.0890949674780103E-01 a       495     0    21     1    15
 -7.1548243612076079E-01 a       496     0    21     1    16
 -6.3999621771109505E-01 a       497     0    21     1    17
  3.6297913602651244E-01 a       498     0    21     1    18
 -9.5096327469439101E-01 a       499     0    21     1    19
 -7.9311483071746636E-01 a       500     0    21     1    20
  7.3920788245725588E-01 a       501     0    21     1    21
 -3.7944580113996829E-01 a       502     0    21     1    22
 -7.7687433464628719E-01 a       503     0    21     1    23
 -7.3700884387492482E-01 a       504     0    21     1    24
 -6.9088683273134022E-01 a       505     0    22     1     1
  1.8976085693337805E-01 a       506     0    22     1     2
  1.0145135218040560E+00 a       507     0    22     1     3
  7.0884577856137843E-01 a       508     0    22     1     4
 -3.9026546729574296E-01 a       509     0    22     1     5
  1.1600020740393191E+00 a       510     0    22     1     6
 -2.9839376329379660E-02 a       511     0    22     1     7
  6.6287643682047592E-01 a       512     0    22     1     8
 -4.3620619218181012E-01 a       513     0    22     1     9
  8.4720503389920021E-01 a       514     0    22     1    10
  4.9344239831447811E-01 a       515     0    22     1    11
 -8.3476175514964890E-01 a       516     0    22     1    12
 -8.7705424434377499E-01 a       517     0    22     1    13
  9.6511336974881379E-01 a       518     0    22     1    14
  8.2890903590143006E-01 a       519     0    22     1    15
 -2.7211111838284940E-01 a       520     0    22     1    16
 -2.4838582462095815E-01 a       521     0    22     1    17
  4.8969648755326278E-01 a       522     0    22     1    18
 -1.8649230581021203E-01 a       523     0    22     1    19
 -3.3763325822546641E-01 a       524     0    22     1    20
 -7.9200897907428536E-01 a       525     0    22     1    21
 -3.0349487860922575E-01 a       526     0    22     1    22
  3.7045390420317237E-02 a       527     0    22     1    23
  5.0870439887070040E-01 a       528     0    22     1    24
 -5.4972660528521755E-01 a       529     0    23     1     1
 -5.2219107177152879E-01 a       530     0    23     1     2
  8.3233734835602913E-01 a       531     0    23     1     3
 -4.4808221815592086E-01 a       532     0    23     1     4
  9.5399591376019421E-01 a       533     0    23     1     5
 -3.5918476881937461E-01 a       534     0    23     1     6
 -6.0256625061334923E-01 a       535     0    23     1     7
 -3.5033835502991711E-01 a       536     0    23     1     8
  7.1914667219077344E-01 a       537     0    23     1     9
  2.0676042317605170E-01 a       538     0    23     1    10
  5.6251262980292516E-01 a       539     0    23     1    11
 -4.2924239871886827E-01 a       540     0    23     1    12
 -5.6656176190519736E-01 a       541     0    23     1    13
  4.4366284210954787E-01 a       542     0    23     1    14
 -1.5522530825406022E-01 a       543     0    23     1    15
  4.3260188667222960E-01 a       544     0    23     1    16
 -9.9961978871071999E-01 a       545     0    23     1    17
  6.3647228800091993E-01 a       546     0    23     1    18
  4.7316118914750831E-03 a       547     0    23     1    19
  2.2818504406897872E-01 a       548     0    23     1    20
  2.0730745832579772E-01 a       549     0    23     1    21
  1.3738605348352978E-01 a       550     0    23     1    22
 -5.3037427058962006E-01 a       551     0    23     1    23
 -4.1806967360877290E-01 a       552     0    23     1    24
  7.7727724734738823E-01 a       553     0    24     1     1
 -9.4125155500978519E-01 a       554     0    24     1     2
 -4.6062981792841812E-01 a       555     0    24     1     3
 -1.2937180438927559E-01 a       556     0    24     1     4
 -4.4764152154943959E-01 a       557     0    24     1     5
 -7.4006003279213906E-01 a       558     0    24     1     6
  1.7595092597558468E-02 a       559     0    24     1     7
  3.0298746034825319E-01 a       560     0    24     1     8
  6.6394966513549658E-01 a       561     0    24     1     9
  7.5560588581588350E-01 a       562     0    24     1    10
 -9.3527813549051120E-01 a       563     0    24     1    11
 -4.8009159376395943E-01 a       564     0    24     1    12
  3.2939193946366291E-01 a       565     0    24     1    13
  9.6936027987738194E-01 a       566     0    24     1    14
 -2.8860452648008352E-03 a       567     0    24     1    15
 -7.1485718620397853E-01 a       568     0    24     1    16
 -3.7337023569574324E-01 a       569     0    24     1    17
  7.0085315012482197E-01 a       570     0    24     1    18
 -6.9457686502871119E-01 a       571     0    24     1    19
  8.6149468168589605E-01 a       572     0    24     1    20
  1.0206951049074413E-01 a       573     0    24     1    21
  1.9063645550254762E-01 a       574     0    24     1    22
 -2.2628281025706953E-01 a       575     0    24     1    23
 -8.9613291547798635E-01 a       576     0    24     1    24
 -1.1673056861203995E-01 a       577     0    25     1     1
 -3.7514455349839437E-01 a       578     0    25     1     2
  2.5851752741505718E-01 a       579     0    25     1     3
 -1.0929409783205244E+00 a       580     0    25     1     4
  1.0525434185337383E-01 a       581     0    25     1     5
  4.2670714608125293E-01 a       582     0    25     1     6
  4.5532203391562154E-01 a       583     0    25     1     7
  5.4458108395149629E-01 a       584     0    25     1     8
  8.3994018154754124E-01 a       585     0    25     1     9
  2.1331519613491565E-01 a       586     0    25     1    10
  2.8571833747234593E-01 a       587     0    25     1    11
 -2.9044413771405458E-01 a       588     0    25     1    12
 -4.9641099159456009E-01 a       589     0    25     1    13
  1.3851567540841314E-01 a       590     0    25     1    14
 -3.4977138574172617E-02 a       591     0    25     1    15
  7.3346982823711326E-01 a       592     0    25     1    16
  1.6152659418132340E-01 a       593     0    25     1    17
 -5.3573751140436654E-01 a       594     0    25     1    18
  2.2458291407975309E-01 a       595     0    25     1    19
  5.7749505408736101E-01 a       596     0    25     1    20
 -1.9163676503093401E-02 a       597     0    25     1    21
  1.3349727281272128E+00 a       598     0    25     1    22
 -9.2725553013132789E-01 a       599     0    25     1    23
 -1.2328157459057343E-01 a       600     0    25     1    24
 -1.6474379251360810E-01 a       601     0    26     1     1
 -1.9662983280059276E-01 a       602     0    26     1     2
  5.7482267632867823E-01 a       603     0    26     1     3
 -4.1998715599722326E-02 a       604     0    26     1     4
  2.8793560742451835E-01 a       605     0    26     1     5
 -1.2415370571709428E-01 a       606     0    26     1     6
  7.0734820872333048E-01 a       607     0    26     1     7
 -8.2352056459071791E-03 a       608     0    26     1     8
 -8.1437672366281189E-02 a       609     0    26     1     9
  8.2317639010298371E-01 a       610     0    26     1    10
  1.1926402136760132E+00 a       611     0    26     1    11
  1.4119466612345385E-01 a       612     0    26     1    12
  5.3192749999305095E-02 a       613     0    26     1    13
  1.1854785473389806E-01 a       614     0    26     1    14
  5.9276333615685288E-02 a       615     0    26     1    15
 -2.3417237801724886E-01 a       616     0    26     1    16
  2.9618216047838641E-01 a       617     0    26     1    17
 -7.7819040344679979E-01 a       618     0    26     1    18
 -1.3433399307419192E+00 a       619     0    26     1    19
 -9.5778564414753609E-01 a       620     0    26     1    20
 -3.5525203621313989E-01 a       621     0    26     1    21
  5.1778815258691546E-02 a       622     0    26     1    22
  1.0164272007306764E-01 a       623     0    26     1    23
  5.1865960143315619E-02 a       624     0    26     1    24
  7.3000328068761489E-01 a       625     0    27     1     1
 -6.1227519460156266E-01 a       626     0    27     1     2
  8.7398981246100604E-01 a       627     0    27     1     3
  1.2153309880636509E+00 a       628     0    27     1     4
 -6.1734070307598610E-01 a       629     0    27     1     5
 -3.3941181667509102E-01 a       630     0    27     1     6
  7.7318522701958359E-01 a       631     0    27     1     7
  7.2854132422539797E-01 a       632     0    27     1     8
 -9.1953472885568366E-01 a       633     0    27     1     9
 -4.4693239401902629E-01 a       634     0    27     1    10
  2.2438758652730542E-01 a       635     0    27     1    11
 -4.2226158190553892E-01 a       636     0    27     1    12
 -3.7451448866318138E-01 a       637     0    27     1    13
  2.8388677358877640E-01 a       638     0    27     1    14
 -8.4754691494222945E-01 a       639     0    27     1    15
 -5.3295065027145849E-01 a       640     0    27     1    16
  1.5128789597485370E-01 a       641     0    27     1    17
 -8.0077314595748039E-01 a       642     0    27     1    18
 -1.2382555893716876E-01 a       643     0    27     1    19
  2.0785556969811894E-01 a       644     0    27     1    20
 -2.4836611362983746E-01 a       645     0    27     1    21
 -3.9994106229775161E-01 a       646     0    27     1    22
  2.2521691337481084E-01 a       647     0    27     1    23
  3.3266757473480557E-01 a       648     0    27     1    24
 -7.4652143594650600E-01 a       649     0    28     1     1
 -1.3035182281656408E+00 a       650     0    28     1     2
  1.4254102354065867E+00 a       651     0    28     1     3
 -3.4952096361350171E-01 a       652     0    28     1     4
 -7.3674444451367516E-01 a       653     0    28     1     5
  6.5151117003788017E-01 a       654     0    28     1     6
  8.7077158457603299E-01 a       655     0    28     1     7
 -6.0306427521903094E-01 a       656     0    28     1     8
  5.7189736038974170E-01 a       657     0    28     1     9
 -3.6230814784552418E-01 a       658     0    28     1    10
  5.7210748063612038E-01 a       659     0    28     1    11
 -3.6983239216512387E-01 a       660     0    28     1    12
  2.4739708953166159E-01 a       661     0    28     1    13
 -8.4748663009849601E-01 a       662     0    28     1    14
  2.7396829920045029E-01 a       663     0    28     1    15
  4.1743103921812299E-03 a       664     0    28     1    16
  1.3025814204539838E+00 a       665     0    28     1    17
 -7.9318156472106804E-01 a       666     0    28     1    18
 -3.7199783892804844E-01 a       667     0    28     1    19
  7.1210843858980399E-01 a       668     0    28     1    20
  7.7989760974346256E-01 a       669     0    28     1    21
 -8.2819617853225325E-01 a       670     0    28     1    22
 -4.0718928422376299E-01 a       671     0    28     1    23
 -7.9283909672188202E-01 a       672     0    28     1    24
 -5.3873606148875132E-02 a       673     0    29     1     1
 -1.7169857699885169E-01 a       674     0    29     1     2
  4.5192081800149020E-01 a       675     0    29     1     3
  2.0006534879459109E-01 a       676     0    29     1     4
 -2.2379324196672215E-01 a       677     0    29     1     5
 -3.9738486962186736E-01 a       678     0    29     1     6
 -2.6769086464486602E-01 a       679     0    29     1     7
 -2.0812635909916460E-01 a       680     0    29     1     8
  4.2605237730727141E-01 a       681     0    29     1     9
 -7.6564052717488795E-01 a       682     0    29     1    10
  3.9036079962164022E-01 a       683     0    29     1    11
  7.8401832931498217E-01 a       684     0    29     1    12
  8.7240167026521070E-02 a       685     0    29     1    13
 -6.9595582696975944E-01 a       686     0    29     1    14
 -2.3065049512763702E-01 a       687     0    29     1    15
  6.0082910413507473E-01 a       688     0    29     1    16
  2.4546584323340723E-01 a       689     0    29     1    17
  8.4812684757842560E-01 a       690     0    29     1    18
  4.5475567476121787E-01 a       691     0    29     1    19
 -5.7744061266214675E-01 a       692     0    29     1    20
 -6.2110979477932948E-01 a       693     0    29     1    21
 -2.0673242355310592E-01 a       694     0    29     1    22
 -2.0235471472582803E-01 a       695     0    29     1    23
  3.0907545348608556E-01 a       696     0    29     1    24
 -2.5479506362988813E-01 a       697     0    30     1     1
  3.1953337751385535E-02 a       698     0    30     1     2
 -1.7007493901459014E-01 a       699     0    30     1     3
  9.1649089772229830E-01 a       700     0    30     1     4
  2.3791245837022260E-01 a       701     0    30     1     5
  4.2882431394363807E-01 a       702     0    30     1     6
 -1.0797858246980465E+00 a       703     0    30     1     7
  2.3198928263962595E-01 a       704     0    30     1     8
  6.4709931158496203E-01 a       705     0    30     1     9
  1.7709552266217007E-01 a       706     0    30     1    10
  3.1205393239703272E-01 a       707     0    30     1    11
  3.4865658821640300E-01 a       708     0    30     1    12
 -4.9742365112150422E-01 a       709     0    30     1    13
  4.5309128809504323E-01 a       710     0    30     1    14
  4.4071667740643089E-01 a       711     0    30     1    15
  1.2420905288512467E-01 a       712     0    30     1    16
  2.6819418543120604E-01 a       713     0    30     1    17
  5.0276281384863319E-01 a       714     0    30     1    18
 -6.6746219898641368E-01 a       715     0    30     1    19
  3.7957600001540992E-01 a       716     0    30     1    20
  5.1200961369725539E-01 a       717     0    30     1    21
  8.8563743591360856E-03 a       718     0    30     1    22
 -7.0910095251215954E-01 a       719     0    30     1    23
 -6.8288470246015498E-01 a       720     0    30     1    24
 -5.7072872456126833E-01 a       721     0    31     1     1
  7.3196670764452243E-01 a       722     0    31     1     2
  7.2375264076949541E-01 a       723     0    31     1     3
 -7.0639730609142237E-01 a       724     0    31     1     4
  7.5204585531169310E-01 a       725     0    31     1     5
 -7.4765540979815137E-02 a       726     0    31     1     6
  1.6519056522963302E-02 a       727     0    31     1     7
 -6.5685825221933253E-02 a       728     0    31     1     8
 -7.4218386161751793E-01 a       729     0    31     1     9
  2.9777034881988812E-01 a       730     0    31     1    10
 -2.8858805776134733E-01 a       731     0    31     1    11
  2.7201318997875457E-01 a       732     0    31     1    12
 -7.7471780000488072E-02 a       733     0    31     1    13
  6.3252957811622157E-01 a       734     0    31     1    14
  3.8173881682879063E-01 a       735     0    31     1    15
  7.6644596765949218E-03 a       736     0    31     1    16
  3.5947679545444466E-01 a       737     0    31     1    17
  9.2783664080983930E-02 a       738     0    31     1    18
 -3.3208848605031194E-01 a       739     0    31     1    19
  3.5542406353256195E-01 a       740     0    31     1    20
  6.7711547889453072E-01 a       741     0    31     1    21
 -6.2091915876823689E-01 a       742     0    31     1    22
 -6.8645635799959903E-01 a       743     0    31     1    23
 -1.8049834609334300E-01 a       744     0    31     1    24
  5.0903341358864374E-01 a       745     0    32     1     1
 -6.4125517125663645E-01 a       746     0    32     1     2
  9.0566244838576537E-01 a       747     0    32     1     3
 -2.6966789077179115E-01 a       748     0    32     1     4
 -7.3871504717465536E-02 a       749     0    32     1     5
 -7.0926271025099047E-02 a       750     0    32     1     6
 -5.3947796648165480E-01 a       751     0    32     1     7
 -7.1540701603968648E-01 a       752     0    32     1     8
  8.6251309795233699E-01 a       753     0    32     1     9
 -2.1194536484030208E-01 a       754     0    32     1    10
  1.1254983234201945E+00 a       755     0    32     1    11
 -1.1398244546786329E-01 a       756     0    32     1    12
  2.8525015321185376E-01 a       757     0    32     1    13
  1.4485133284252114E-01 a       758     0    32     1    14
 -4.8781618431638329E-01 a       759     0    32     1    15
  2.5204538036321456E-01 a       760     0    32     1    16
  6.6122335333869720E-01 a       761     0    32     1    17
  2.2980955649598409E-01 a       762     0    32     1    18
 -3.7660978591585292E-02 a       763     0    32     1    19
  2.4456819210693251E-01 a       764     0    32     1    20
  1.9941125808592253E-01 a       765     0    32     1    21
 -6.4681445064201426E-02 a       766     0    32     1    22
  3.6838809034753994E-01 a       767     0    32     1    23
  4.8831163606353489E-01 a       768     0    32     1    24
  1.9096982842014965E-01 a       769     0    33     1     1
  2.3626420478096458E-01 a       770     0    33     1     2
 -9.8708853337840774E-01 a       771     0    33     1     3
 -1.5775039010175537E-01 a       772     0    33     1     4
 -4.8046300064984004E-01 a       773     0    33     1     5
  6.0890342057775149E-01 a       774     0    33     1     6
 -4.2972050346254911E-02 a       775     0    33     1     7
 -1.0509102905089669E+00 a       776     0    33     1     8
  7.8322437766383324E-01 a       777     0    33     1     9
  1.1925644844079557E+00 a       778     0    33     1    10
  2.4454394018188302E-01 a       779     0    33     1    11
 -9.0595171888742043E-01 a       780     0    33     1    12
  7.3095354809354129E-01 a       781     0    33     1    13
  1.8486483239696905E-01 a       782     0    33     1    14
 -5.6986083691988076E-01 a       783     0    33     1    15
  4.8223156040649828E-01 a       784     0    33     1    16
  7.0621412404556627E-01 a       785     0    33     1    17
 -6.8112088549851868E-01 a       786     0    33     1    18
 -7.5907567129816600E-01 a       787     0    33     1    19
  5.4711575114551581E-01 a       788     0    33     1    20
 -5.4721053978746818E-02 a       789     0    33     1    21
  9.0000256226483366E-01 a       790     0    33     1    22
 -4.5741079703591730E-01 a       791     0    33     1    23
 -1.4121717794004371E-01 a       792     0    33     1    24
 -1.0774064184752509E-01 a       793     0    34     1     1
  3.9942132643577671E-01 a       794     0    34     1     2
  5.3272058841855124E-02 a       795     0    34     1     3
  3.1594132231545058E-01 a       796     0    34     1     4
 -8.4205055198350620E-01 a       797     0    34     1     5
 -1.6535853775867232E-01 a       798     0    34     1     6
  3.6027232280948573E-01 a       799     0    34     1     7
  5.7598506151176354E-01 a       800     0    34     1     8
 -4.1336156260944434E-01 a       801     0    34     1     9
 -3.1441062025053418E-01 a       802     0    34     1    10
  1.4455020719239237E-01 a       803     0    34     1    11
  6.2726351205287623E-01 a       804     0    34     1    12
 -1.5910028048867395E-01 a       805     0    34     1    13
  1.1597411770899633E+00 a       806     0    34     1    14
 -1.8157482232959216E-01 a       807     0    34     1    15
  4.4376381668928648E-02 a       808     0    34     1    16
 -2.9388966774776570E-01 a       809     0    34     1    17
 -7.1040422587306051E-01 a       810     0    34     1    18
  3.8348275733654608E-01 a       811     0    34     1    19
 -7.8728030618214639E-01 a       812     0    34     1    20
  1.6745745306319663E-02 a       813     0    34     1    21
 -6.7301482312603217E-02 a       814     0    34     1    22
 -5.3359102933520086E-01 a       815     0    34     1    23
 -1.0703727576982897E-01 a       816     0    34     1    24
 -5.6143388520970269E-02 a       817     0    35     1     1
  3.0727885127978571E-01 a       818     0    35     1     2
  2.8194307995770418E-01 a       819     0    35     1     3
  2.7028040118372448E-01 a       820     0    35     1     4
 -3.5222173723983047E-01 a       821     0    35     1     5
 -2.9644344768802633E-01 a       822     0    35     1     6
 -1.0183319072530717E-02 a       823     0    35     1     7
  2.1516654100731328E-01 a       824     0    35     1     8
 -4.9897930340932201E-01 a       825     0    35     1     9
 -7.2736455258163646E-01 a       826     0    35     1    10
  1.1926523646488887E+00 a       827     0    35     1    11
  6.8717561150122508E-01 a       828     0    35     1    12
  1.8283340181062549E-01 a       829     0    35     1    13
 -3.0799149330785980E-01 a       830     0    35     1    14
  5.4781807252741488E-01 a       831     0    35     1    15
  4.2819953714360048E-01 a       832     0    35     1    16
  8.0165619106903296E-01 a       833     0    35     1    17
  6.4826575976364584E-02 a       834     0    35     1    18
  7.7179543650369486E-01 a       835     0    35     1    19
 -3.6711703156571185E-02 a       836     0    35     1    20
  5.2534800972555240E-01 a       837     0    35     1    21
 -7.9085847053720140E-03 a       838     0    35     1    22
 -2.0936846268393375E-01 a       839     0    35     1    23
 -3.6679108234458901E-01 a       840     0    35     1    24
  3.3172764408434069E-01 a       841     0    36     1     1
  8.8994505428046022E-01 a       842     0    36     1     2
  1.6824722435685224E-01 a       843     0    36     1     3
  2.6741245778602613E-01 a       844     0    36     1     4
  1.1166948321542456E+00 a       845     0    36     1     5
  9.4779636066252049E-01 a       846     0    36     1     6
  6.6884625585001711E-01 a       847     0    36     1     7
  3.8926320071831599E-01 a       848     0    36     1     8
  2.1974401634313095E-01 a       849     0    36     1     9
 -5.8721812785712924E-01 a       850     0    36     1    10
 -7.4779880091573103E-01 a       851     0    36     1    11
 -7.0910975937293186E-01 a       852     0    36     1    12
  3.1003725725707223E-02 a       853     0    36     1    13
  3.0216030229043245E-01 a       854     0    36     1    14
  4.8771090529754174E-01 a       855     0    36     1    15
  9.5622945031537243E-01 a       856     0    36     1    16
 -2.1096767177571071E-01 a       857     0    36     1    17
 -1.6945687578693108E-01 a       858     0    36     1    18
 -5.4898533683769721E-02 a       859     0    36     1    19
 -5.0375360171534811E-01 a       860     0    36     1    20
 -2.2010745196194431E-01 a       861     0    36     1    21
 -3.8225971250963064E-01 a       862     0    36     1    22
 -2.6409195830598664E-01 a       863     0    36     1    23
 -1.0218173181265312E-01 a       864     0    36     1    24
  4.9191660151980371E-01 a       865     0    37     1     1
  5.5112989034855164E-01 a       866     0    37     1     2
  8.2851627671317607E-01 a       867     0    37     1     3
 -5.1031744364084120E-01 a       868     0    37     1     4
  2.2767215696940951E-01 a       869     0    37     1     5
  7.3550285334731541E-02 a       870     0    37     1     6
 -1.2606366853560971E+00 a       871     0    37     1     7
  7.4185243294322378E-01 a       872     0    37     1     8
 -5.2668708659898889E-01 a       873     0    37     1     9
 -4.5357090204776712E-01 a       874     0    37     1    10
  1.4815007637101829E-01 a       875     0    37     1    11
 -5.9253580956630428E-02 a       876     0    37     1    12
 -7.5007836206865330E-01 a       877     0    37     1    13
 -6.9963724965078009E-02 a       878     0    37     1    14
  8.0913961808634927E-01 a       879     0    37     1    15
  1.0815480829767605E+00 a       880     0    37     1    16
  2.2579258237811808E-01 a       881     0    37     1    17
 -1.0224029806621477E+00 a       882     0    37     1    18
 -1.1354310851450397E-01 a       883     0    37     1    19
 -6.6532731598711081E-01 a       884     0    37     1    20
 -8.0942718645130210E-02 a       885     0    37     1    21
 -9.6276065715461079E-01 a       886     0    37     1    22
 -5.4370919089436776E-01 a       887     0    37     1    23
 -9.1027629872373628E-01 a       888     0    37     1    24
  1.4754705445065500E-01 a       889     0    38     1     1
 -4.7914606256957609E-01 a       890     0    38     1     2
 -1.4533621501883134E+00 a       891     0    38     1     3
  6.1522165571189391E-01 a       892     0    38     1     4
  6.4127978734221536E-01 a       893     0    38     1     5
  1.0137009530347787E+00 a       894     0    38     1     6
 -9.2490907956624802E-01 a       895     0    38     1     7
  8.6368139849165437E-01 a       896     0    38     1     8
  4.7127939080371506E-01 a       897     0    38     1     9
 -5.2584354223524599E-01 a       898     0    38     1    10
 -1.0331373626724318E-01 a       899     0    38     1    11
 -4.8355437933913437E-01 a       900     0    38     1    12
 -3.0932545668552980E-01 a       901     0    38     1    13
 -9.1713777616464057E-02 a       902     0    38     1    14
  2.9337423694530879E-01 a       903     0    38     1    15
  9.3561008256749401E-01 a       904     0    38     1    16
 -1.1010635307147192E+00 a       905     0    38     1    17
  2.9372936838394942E-01 a       906     0    38     1    18
  1.0092959579803389E+00 a       907     0    38     1    19
  3.0764542018121277E-01 a       908     0    38     1    20
  1.0710512925538906E+00 a       909     0    38     1    21
  3.8917471967533995E-01 a       910     0    38     1    22
 -3.1251705276624020E-01 a       911     0    38     1    23
  2.1783397093873080E-01 a       912     0    38     1    24
  1.1409063428287605E+00 a       913     0    39     1     1
 -1.8930753901207845E-01 a       914     0    39     1     2
 -7.3273438193932794E-01 a       915     0    39     1     3
  4.0960500032238228E-01 a       916     0    39     1     4
 -3.6717413991377740E-01 a       917     0    39     1     5
  8.7228879588038391E-02 a       918     0    39     1     6
  4.2997958162637384E-01 a       919     0    39     1     7
  3.6658265081368013E-01 a       920     0    39     1     8
 -1.2916524794135367E-01 a       921     0    39     1     9
  7.7858527821103196E-01 a       922     0    39     1    10
 -6.7109593785305732E-01 a       923     0    39     1    11
 -4.0555675057503215E-01 a       924     0    39     1    12
 -1.3592990699857130E+00 a       925     0    39     1    13
 -7.3064504239260875E-01 a       926     0    39     1    14
 -6.6154254596360273E-01 a       927     0    39     1    15
  4.2037978817516131E-01 a       928     0    39     1    16
 -7.3684441636381137E-01 a       929     0    39     1    17
  3.6526156373028507E-01 a       930     0    39     1    18
  2.7087659482030491E-01 a       931     0    39     1    19
  6.2861555498425770E-01 a       932     0    39     1    20
  4.7731670949157465E-02 a       933     0    39     1    21
  8.8703221982685310E-01 a       934     0    39     1    22
 -6.7356815200456543E-01 a       935     0    39     1    23
  1.9427958972995252E-02 a       936     0    39     1    24
  8.9070883394114744E-02 a       937     0    40     1     1
 -1.1643803581083680E+00 a       938     0    40     1     2
  7.9513887971680863E-01 a       939     0    40     1     3
 -6.8818459673268639E-01 a       940     0    40     1     4
  2.2389885971144002E-01 a       941     0    40     1     5
  5.0383735179690048E-01 a       942     0    40     1     6
  3.5490030071584144E-01 a       943     0    40     1     7
  4.7472060094924967E-01 a       944     0    40     1     8
  6.7865167665006310E-01 a       945     0    40     1     9
 -7.2835572437809470E-01 a       946     0    40     1    10
  4.9806061968273563E-01 a       947     0    40     1    11
 -8.8616460621876247E-01 a       948     0    40     1    12
 -1.8930676387197892E-02 a       949     0    40     1    13
  6.1602229700194411E-01 a       950     0    40     1    14
 -8.3959227002119508E-01 a       951     0    40     1    15
  4.2059406765035512E-01 a       952     0    40     1    16
  3.4714179420989266E-01 a       953     0    40     1    17
 -9.2774387344974707E-01 a       954     0    40     1    18
 -3.5152330134405041E-01 a       955     0    40     1    19
 -1.3612713428625727E-02 a       956     0    40     1    20
  9.0681844768142872E-01 a       957     0    40     1    21
 -9.1977207161682784E-02 a       958     0    40     1    22
 -5.0555462189835543E-01 a       959     0    40     1    23
 -1.1834087455125961E+00 a       960     0    40     1    24
 -2.0430095380612812E-01 a       961     0    41     1     1
 -8.0850121331631364E-01 a       962     0    41     1     2
  3.4174508822667732E-01 a       963     0    41     1     3
 -3.0194932413492404E-01 a       964     0    41     1     4
 -1.4195780714956774E-01 a       965     0    41     1     5
 -7.7921329598598835E-02 a       966     0    41     1     6
  8.4142839639230171E-01 a       967     0    41     1     7
  2.3950381516420864E-02 a       968     0    41     1     8
 -2.4914553361347980E-01 a       969     0    41     1     9
  3.8827524104087369E-01 a       970     0    41     1    10
  2.3950085943191282E-01 a       971     0    41     1    11
 -3.8852361316832984E-01 a       972     0    41     1    12
  5.0167643705597742E-01 a       973     0    41     1    13
 -4.6864776891979365E-01 a       974     0    41     1    14
 -5.7047943764708953E-01 a       975     0    41     1    15
 -4.2753945287292044E-01 a       976     0    41     1    16
  5.2195944283394735E-01 a       977     0    41     1    17
 -4.4161712392394400E-02 a       978     0    41     1    18
  2.3503196209668875E-01 a       979     0    41     1    19
  1.8043815473335595E-01 a       980     0    41     1    20
 -4.5252395025067710E-01 a       981     0    41     1    21
  3.4456339574609118E-01 a       982     0    41     1    22
 -5.6195111420881594E-01 a       983     0    41     1    23
 -6.5512421134793802E-02 a       984     0    41     1    24
 -5.7258493928091236E-01 a       985     0    42     1     1
  5.6960064840243296E-01 a       986     0    42     1     2
 -1.9143475779710314E-01 a       987     0    42     1     3
 -5.7294152226624362E-01 a       988     0    42     1     4
  1.1829920653399289E-02 a       989     0    42     1     5
 -4.3081711882499693E-02 a       990     0    42     1     6
  8.2056358259046291E-01 a       991     0    42     1     7
 -1.1351752443986471E+00 a       992     0    42     1     8
  6.9474734396213667E-01 a       993     0    42     1     9
  5.4771466600862850E-01 a       994     0    42     1    10
 -1.4818576749549145E-02 a       995     0    42     1    11
  2.5042612965643452E-01 a       996     0    42     1    12
  4.0534289686327107E-01 a       997     0    42     1    13
 -2.9132306656711560E-01 a       998     0    42     1    14
 -2.3179566835760133E-02 a       999     0    42     1    15
 -9.7870993832693254E-01 a      1000     0    42     1    16
 -1.3702121569908804E-01 a      1001     0    42     1    17
  1.0602797740625163E-01 a      1002     0    42     1    18
  4.1586090094692896E-01 a      1003     0    42     1    19
 -3.8680427916655929E-01 a      1004     0    42     1    20
  7.6274140916678157E-01 a      1005     0    42     1    21
 -1.0814795267308121E-01 a      1006     0    42     1    22
  5.1076886914170827E-01 a      1007     0    42     1    23
 -4.3206627945190579E-01 a      1008     0    42     1    24
 -4.9231770056857238E-01 a      1009     0    43     1     1
 -8.6364221159213730E-02 a      1010     0    43     1     2
 -7.0716896765930060E-01 a      1011     0    43     1     3
  2.0173167590074939E-01 a      1012     0    43     1     4
  1.0970260944130163E-01 a      1013     0    43     1     5
  3.5817385225307280E-02 a      1014     0    43     1     6
 -8.7074035047362752E-01 a      1015     0    43     1     7
 -1.7469377806557154E-01 a      1016     0    43     1     8
  9.8442038980828636E-02 a      1017     0    43     1     9
  4.2432536571788332E-01 a      1018     0    43     1    10
  4.7773119641825110E-02 a      1019     0    43     1    11
  3.4425503851381700E-01 a      1020     0    43     1    12
  7.7421871908692486E-01 a      1021     0    43     1    13
 -3.8476103416653651E-01 a      1022     0    43     1    14
  1.5685973215264354E-02 a      1023     0    43     1    15
  2.0360201779904552E-01 a      1024     0    43     1    16
 -2.4154878385819134E-01 a      1025     0    43     1    17
  1.2946490224802196E-01 a      1026     0    43     1    18
 -3.1815441688216028E-01 a      1027     0    43     1    19
  8.7798835378081930E-01 a      1028     0    43     1    20
  1.0598338114415109E+00 a      1029     0    43     1    21
 -1.8529766732463804E-01 a      1030     0    43     1    22
 -5.5697011635969809E-02 a      1031     0    43     1    23
  1.9078981356421248E-01 a      1032     0    43     1    24
  9.5104859419798043E-02 a      1033     0    44     1     1
 -7.5495150159575442E-01 a      1034     0    44     1     2
 -8.9280405069602595E-02 a      1035     0    44     1     3
 -6.4312188518106897E-02 a      1036     0    44     1     4
  5.1564269326964085E-01 a      1037     0    44     1     5
  4.2371418122135085E-01 a      1038     0    44     1     6
 -1.6705958129658827E-01 a      1039     0    44     1     7
 -1.1154662039864148E-01 a      1040     0    44     1     8
 -4.2330125836369337E-01 a      1041     0    44     1     9
 -7.1719541573284348E-02 a      1042     0    44     1    10
 -3.6550495907571490E-01 a      1043     0    44     1    11
  1.5319799775610995E-01 a      1044     0    44     1    12
 -2.9328082078020934E-01 a      1045     0    44     1    13
  1.2975006243374219E+00 a      1046     0    44     1    14
  2.9599451525790196E-03 a      1047     0    44     1    15
  8.2788578860760209E-01 a      1048     0    44     1    16
  8.5568342009303766E-01 a      1049     0    44     1    17
 -1.0124010657448563E+00 a      1050     0    44     1    18
 -5.0648340011254889E-01 a      1051     0    44     1    19
 -1.9161556736615271E-01 a      1052     0    44     1    20
  4.3052021268005985E-01 a      1053     0    44     1    21
  5.9563066108332796E-01 a      1054     0    44     1    22
 -8.7920841982025613E-02 a      1055     0    44     1    23
 -4.8508518075208418E-01 a      1056     0    44     1    24
 -6.6753794579056125E-01 a      1057     0    45     1     1
 -1.8645985716567076E-01 a      1058     0    45     1     2
  1.1671809454758566E+00 a      1059     0    45     1     3
 -5.0956634774011544E-01 a      1060     0    45     1     4
 -3.9671013886233238E-02 a      1061     0    45     1     5
 -7.8784415684246489E-02 a      1062     0    45     1     6
 -4.9302438912246438E-01 a      1063     0    45     1     7
 -8.5908396532361667E-02 a      1064     0    45     1     8
  3.2061403724396859E-01 a      1065     0    45     1     9
  5.7166695140496049E-01 a      1066     0    45     1    10
  2.8517193179616473E-01 a      1067     0    45     1    11
 -1.5565395845018307E-01 a      1068     0    45     1    12
 -7.5845955269703289E-03 a      1069     0    45     1    13
 -3.6835495174411949E-03 a      1070     0    45     1    14
 -4.2795512322783419E-01 a      1071     0    45     1    15
  3.8195746455047302E-01 a      1072     0    45     1    16
 -3.0687763307767124E-01 a      1073     0    45     1    17
 -5.7077782549415000E-02 a      1074     0    45     1    18
  8.6045586144457331E-01 a      1075     0    45     1    19
 -7.4438922518204276E-01 a      1076     0    45     1    20
 -7.8975987522933389E-01 a      1077     0    45     1    21
  9.9113608465652859E-03 a      1078     0    45     1    22
  4.3781952511324401E-01 a      1079     0    45     1    23
  2.0149986349013652E-01 a      1080     0    45     1    24
 -7.2102638317542300E-01 a      1081     0    46     1     1
  1.1414316986857685E-01 a      1082     0    46     1     2
  7.9067505141171235E-01 a      1083     0    46     1     3
 -1.5082189380724843E-02 a      1084     0    46     1     4
 -4.2019109121457787E-01 a      1085     0    46     1     5
 -2.9254334275555910E-01 a      1086     0    46     1     6
  1.4506924829738560E-01 a      1087     0    46     1     7
  2.5632228203289864E-01 a      1088     0    46     1     8
  8.2288143568199978E-01 a      1089     0    46     1     9
 -4.2475866237606319E-01 a      1090     0    46     1    10
 -2.5058444181519209E-02 a      1091     0    46     1    11
 -5.8088318126567007E-01 a      1092     0    46     1    12
 -3.5663203327015908E-01 a      1093     0    46     1    13
  2.1922649757747112E-01 a      1094     0    46     1    14
 -4.8345402590893033E-01 a      1095     0    46     1    15
  7.9502098827045709E-01 a      1096     0    46     1    16
  2.6323911507563436E-01 a      1097     0    46     1    17
 -7.0804499159633050E-01 a      1098     0    46     1    18
  3.1423607699381068E-01 a      1099     0    46     1    19
 -3.7654091099690756E-02 a      1100     0    46     1    20
 -5.4334414851890789E-01 a      1101     0    46     1    21
  9.0903678684544786E-01 a      1102     0    46     1    22
 -8.9152286159012953E-02 a      1103     0    46     1    23
  6.0181843430231385E-01 a      1104     0    46     1    24
 -8.2759114991740457E-01 a      1105     0    47     1     1
  5.1598168117992371E-01 a      1106     0    47     1     2
  8.1346111104302954E-01 a      1107     0    47     1     3
  1.4114228616006299E+00 a      1108     0    47     1     4
  1.0062088720809506E+00 a      1109     0    47     1     5
 -1.8684435412984179E-01 a      1110     0    47     1     6
  3.4831906141178381E-01 a      1111     0    47     1     7
 -1.0543034348071609E+00 a      1112     0    47     1     8
  1.0954103516648841E+00 a      1113     0    47     1     9
 -5.5041866203653567E-01 a      1114     0    47     1    10
 -6.5668517198341003E-01 a      1115     0    47     1    11
 -3.1624918464547608E-01 a      1116     0    47     1    12
 -8.5325972468438871E-01 a      1117     0    47     1    13
 -3.7965959733393695E-01 a      1118     0    47     1    14
  7.4418191237960962E-01 a      1119     0    47     1    15
 -4.8976352505826104E-01 a      1120     0    47     1    16
  3.4475024855646519E-01 a      1121     0    47     1    17
 -4.0896044709278839E-01 a      1122     0    47     1    18
  1.1925337434880405E+00 a      1123     0    47     1    19
 -1.4872280772867434E+00 a      1124     0    47     1    20
 -9.2818918879391388E-01 a      1125     0    47     1    21
  1.1602818894378872E+00 a      1126     0    47     1    22
 -5.2671425787631998E-01 a      1127     0    47     1    23
 -7.6896312275694012E-01 a      1128     0    47     1    24
 -2.5471329736012233E-01 a      1129     0    48     1     1
 -5.1436896094214080E-01 a      1130     0    48     1     2
  4.0426423894196134E-01 a      1131     0    48     1     3
  2.6891313223173963E-01 a      1132     0    48     1     4
 -4.0910322338097449E-01 a      1133     0    48     1     5
 -8.9228716986393575E-01 a      1134     0    48     1     6
 -1.0252691723946217E+00 a      1135     0    48     1     7
 -5.0839922676663339E-02 a      1136     0    48     1     8
  5.1570622171153924E-01 a      1137     0    48     1     9
 -4.5494630014771131E-01 a      1138     0    48     1    10
  1.0526545956085722E+00 a      1139     0    48     1    11
 -6.9990390708553829E-01 a      1140     0    48     1    12
 -4.9401610213181235E-02 a      1141     0    48     1    13
  2.8695361834224875E-01 a      1142     0    48     1    14
 -2.6028924135346548E-01 a      1143     0    48     1    15
 -4.1731770910306104E-01 a      1144     0    48     1    16
  1.3244421710248364E-01 a      1145     0    48     1    17
  1.0204031649938333E-02 a      1146     0    48     1    18
  8.1486307885131426E-01 a      1147     0    48     1    19
 -7.3566112755321156E-01 a      1148     0    48     1    20
 -1.1081453633009922E-01 a      1149     0    48     1    21
 -9.3095876041324843E-01 a      1150     0    48     1    22
  9.1068538889089223E-02 a      1151     0    48     1    23
  3.2074108246573024E-01 a      1152     0    48     1    24
  8.8628994860288413E-01 a      1153     0    49     1     1
 -5.8846484266333177E-01 a      1154     0    49     1     2
 -4.4040166307779954E-01 a      1155     0    49     1     3
 -2.3788421804441781E-02 a      1156     0    49     1     4
 -1.5168679135290572E-01 a      1157     0    49     1     5
 -1.7724405020180445E-01 a      1158     0    49     1     6
 -3.2002754379176579E-01 a      1159     0    49     1     7
 -9.8237228688676748E-01 a      1160     0    49     1     8
  6.3040246391397647E-01 a      1161     0    49     1     9
 -2.3404386135374239E-01 a      1162     0    49     1    10
  6.4870495898582492E-01 a      1163     0    49     1    11
 -7.6749336655567890E-01 a      1164     0    49     1    12
 -1.3662435815955454E-01 a      1165     0    49     1    13
  9.0994466057954426E-01 a      1166     0    49     1    14
 -5.5719792253184608E-01 a      1167     0    49     1    15
 -2.0463022027031841E-01 a      1168     0    49     1    16
 -1.3072088199869578E-01 a      1169     0    49     1    17
  1.8849800572201680E-01 a      1170     0    49     1    18
 -6.2088623509140062E-01 a      1171     0    49     1    19
 -2.5125324621980255E-01 a      1172     0    49     1    20
 -1.0928836118071020E-01 a      1173     0    49     1    21
  2.2613284452140023E-01 a      1174     0    49     1    22
  1.2989914007243050E-01 a      1175     0    49     1    23
  4.0343032912263899E-01 a      1176     0    49     1    24
 -1.3729218755347092E-01 a      1177     0    50     1     1
 -2.8550146956292510E-01 a      1178     0    50     1     2
 -4.8168800216609839E-02 a      1179     0    50     1     3
  9.2563045454706436E-02 a      1180     0    50     1     4
 -6.0408765525768471E-01 a      1181     0    50     1     5
 -3.2400628034618240E-01 a      1182     0    50     1     6
 -1.1457734837422777E-01 a      1183     0    50     1     7
 -7.2117980391872971E-01 a      1184     0    50     1     8
 -9.2668518675635858E-02 a      1185     0    50     1     9
 -9.6739679521947286E-02 a      1186     0    50     1    10
  3.5805378036958824E-01 a      1187     0    50     1    11
 -2.6992852952060264E-01 a      1188     0    50     1    12
 -2.2595169184026276E-01 a      1189     0    50     1    13
  2.9967088676639309E-01 a      1190     0    50     1    14
  4.9892196479708423E-01 a      1191     0    50     1    15
 -2.2034068670703288E-02 a      1192     0    50     1    16
  4.3280850101135299E-01 a      1193     0    50     1    17
 -3.0626085369456307E-01 a      1194     0    50     1    18
 -5.5429714804961494E-01 a      1195     0    50     1    19
 -1.2719503630621312E-01 a      1196     0    50     1    20
  3.9666334817857396E-01 a      1197     0    50     1    21
 -6.7908752975265696E-01 a      1198     0    50     1    22
  2.0338173643970489E-01 a      1199     0    50     1    23
 -6.1282179573535482E-02 a      1200     0    50     1    24
 -3.5710864786318175E-01 a      1201     0    51     1     1
 -1.9058173444782572E-01 a      1202     0    51     1     2
  8.8525370909648446E-02 a      1203     0    51     1     3
 -7.7958861386454903E-01 a      1204     0    51     1     4
  4.4724096662625901E-01 a      1205     0    51     1     5
  2.6485515079371913E-01 a      1206     0    51     1     6
 -7.3912545939136820E-01 a      1207     0    51     1     7
 -7.6599978250310707E-01 a      1208     0    51     1     8
 -9.6424428281463026E-01 a      1209     0    51     1     9
 -1.9998294315813095E-01 a      1210     0    51     1    10
 -4.9152871667769460E-01 a      1211     0    51     1    11
 -3.1728577303675759E-01 a      1212     0    51     1    12
 -2.4148328280232167E-01 a      1213     0    51     1    13
 -9.3283025304675271E-01 a      1214     0    51     1    14
  5.4450279726483464E-01 a      1215     0    51     1    15
  4.2244745349481616E-01 a      1216     0    51     1    16
 -2.0089760687157032E-01 a      1217     0    51     1    17
 -7.8473355317039695E-01 a      1218     0    51     1    18
 -3.1841564129000646E-02 a      1219     0    51     1    19
  3.3424799005523892E-01 a      1220     0    51     1    20
  3.5579265708629204E-01 a      1221     0    51     1    21
 -4.7425648385194763E-01 a      1222     0    51     1    22
  3.2978260858877159E-02 a      1223     0    51     1    23
 -3.0794726699618047E-01 a      1224     0    51     1    24
 -4.5334592313237271E-01 a      1225     0    52     1     1
  5.8787081569046129E-01 a      1226     0    52     1     2
 -5.1832119179636704E-01 a      1227     0    52     1     3
  1.9558868352560657E-01 a      1228     0    52     1     4
  1.8436299791488278E-01 a      1229     0    52     1     5
  3.0162185672333713E-01 a      1230     0    52     1     6
  7.5775496183533420E-01 a      1231     0    52     1     7
 -1.0772501196416902E+00 a      1232     0    52     1     8
  2.9175912117648795E-01 a      1233     0    52     1     9
  5.0826941320024466E-01 a      1234     0    52     1    10
 -3.2558032580596280E-01 a      1235     0    52     1    11
  1.2035279361813586E-01 a      1236     0    52     1    12
 -1.5766586480805872E-01 a      1237     0    52     1    13
 -8.4835540407022969E-01 a      1238     0    52     1    14
  3.6456631926683042E-01 a      1239     0    52     1    15
  4.2059372499296893E-01 a      1240     0    52     1    16
 -2.3870819429406426E-01 a      1241     0    52     1    17
 -2.8721593993725564E-01 a      1242     0    52     1    18
  3.8113510285084473E-01 a      1243     0    52     1    19
  3.1864967422506352E-01 a      1244     0    52     1    20
  7.6623475142586517E-01 a      1245     0    52     1    21
 -6.4690994729074514E-01 a      1246     0    52     1    22
 -7.5368028566142431E-01 a      1247     0    52     1    23
  2.7531037398647075E-02 a      1248     0    52     1    24
  4.5091369569310519E-01 a      1249     0    53     1     1
 -6.6783723186870625E-01 a      1250     0    53     1     2
 -1.6331622787657574E-01 a      1251     0    53     1     3
  5.9577676754822462E-01 a      1252     0    53     1     4
 -3.5562387318559946E-01 a      1253     0    53     1     5
  8.1760936992029520E-02 a      1254     0    53     1     6
 -2.1742605063636475E-01 a      1255     0    53     1     7
  4.8328062224157331E-01 a      1256     0    53     1     8
 -3.4636529088833951E-01 a      1257     0    53     1     9
  1.1620336354648124E+00 a      1258     0    53     1    10
 -1.7592573236791578E-01 a      1259     0    53     1    11
  2.0185635280198305E-01 a      1260     0    53     1    12
 -3.1832014618405863E-01 a      1261     0    53     1    13
  3.4730230133022788E-01 a      1262     0    53     1    14
 -1.0391428804250716E-01 a      1263     0    53     1    15
 -4.7426042446651479E-01 a      1264     0    53     1    16
 -7.0428345870280407E-02 a      1265     0    53     1    17
 -2.0980568915405501E-01 a      1266     0    53     1    18
 -6.0271470020168538E-01 a      1267     0    53     1    19
  1.0483960047615790E+00 a      1268     0    53     1    20
  6.2233635576734359E-01 a      1269     0    53     1    21
 -1.3704302473757168E-01 a      1270     0    53     1    22
  4.7749381703704280E-01 a      1271     0    53     1    23
 -1.8588401012048830E-01 a      1272     0    53     1    24
 -3.1873964727904169E-01 a      1273     0    54     1     1
  1.1452937080361374E+00 a      1274     0    54     1     2
 -5.8719733172413346E-01 a      1275     0    54     1     3
 -2.9832179505996932E-02 a      1276     0    54     1     4
 -1.8129964332080439E-01 a      1277     0    54     1     5
  1.9366885303699985E-01 a      1278     0    54     1     6
 -3.5693975689819474E-01 a      1279     0    54     1     7
  6.1226095843501827E-01 a      1280     0    54     1     8
 -6.6847092014201681E-01 a      1281     0    54     1     9
  4.8341634844625198E-01 a      1282     0    54     1    10
 -7.3299307986531403E-01 a      1283     0    54     1    11
 -3.0930820724790337E-01 a      1284     0    54     1    12
 -2.7690708707191819E-01 a      1285     0    54     1    13
  7.5705787199476982E-01 a      1286     0    54     1    14
 -5.8124514374137133E-02 a      1287     0    54     1    15
 -4.8368886922793650E-03 a      1288     0    54     1    16
 -3.4289229380762642E-01 a      1289     0    54     1    17
 -1.5694722416134763E-01 a      1290     0    54     1    18
  1.6952386102084488E-01 a      1291     0    54     1    19
  2.5296740190163891E-01 a      1292     0    54     1    20
 -8.8085743379626283E-02 a      1293     0    54     1    21
 -1.6436696596968170E-01 a      1294     0    54     1    22
 -6.8383971004599020E-01 a      1295     0    54     1    23
 -4.0710060582178464E-01 a      1296     0    54     1    24
  6.6066006899665164E-01 a      1297     0    55     1     1
 -2.9275159359636066E-01 a      1298     0    55     1     2
 -1.5225183578848467E+00 a      1299     0    55     1     3
 -1.5176025477872429E-01 a      1300     0    55     1     4
  3.5273319267283298E-01 a      1301     0    55     1     5
 -1.7275698110870216E-01 a      1302     0    55     1     6
  3.9228285560282106E-01 a      1303     0    55     1     7
 -5.9853344455361779E-01 a      1304     0    55     1     8
 -5.9421517390214218E-01 a      1305     0    55     1     9
 -8.9167143522914727E-01 a      1306     0    55     1    10
 -4.7811299770037330E-01 a      1307     0    55     1    11
  8.3924069811469071E-01 a      1308     0    55     1    12
  1.9246197891531502E-01 a      1309     0    55     1    13
  4.8104229622854222E-01 a      1310     0    55     1    14
  7.3536303001833669E-01 a      1311     0    55     1    15
 -2.3145448865095719E-01 a      1312     0    55     1    16
 -1.3582978175435341E+00 a      1313     0    55     1    17
  1.5100219520181912E-01 a      1314     0    55     1    18
  6.3995114057063068E-02 a      1315     0    55     1    19
 -3.8453827991044953E-01 a      1316     0    55     1    20
 -1.4440268527211986E-01 a      1317     0    55     1    21
  7.0875734548769764E-01 a      1318     0    55     1    22
 -2.0466854861972805E-02 a      1319     0    55     1    23
  7.4194508351433819E-01 a      1320     0    55     1    24
  8.1028105415740556E-02 a      1321     0    56     1     1
  4.3492405122844235E-01 a      1322     0    56     1     2
 -2.7902730833032247E-01 a      1323     0    56     1     3
  5.5649733767295861E-01 a      1324     0    56     1     4
 -5.9046327871874948E-01 a      1325     0    56     1     5
 -2.0031913994346176E-01 a      1326     0    56     1     6
  3.8025849438957482E-01 a      1327     0    56     1     7
 -3.3769917935194482E-01 a      1328     0    56     1     8
 -6.1144407364018560E-01 a      1329     0    56     1     9
 -2.3828299889941620E-01 a      1330     0    56     1    10
  9.1435246499405398E-01 a      1331     0    56     1    11
 -7.0817553673337341E-01 a      1332     0    56     1    12
  3.2809698839532907E-02 a      1333     0    56     1    13
 -7.5658280764812180E-01 a      1334     0    56     1    14
  4.8939302596222894E-02 a      1335     0    56     1    15
  3.8436609031059743E-01 a      1336     0    56     1    16
  2.7703643047496923E-01 a      1337     0    56     1    17
  5.0445884332572555E-01 a      1338     0    56     1    18
 -1.1467465533267913E+00 a      1339     0    56     1    19
 -5.3557206257968545E-02 a      1340     0    56     1    20
 -2.4662039473677999E-01 a      1341     0    56     1    21
 -9.2476362425545722E-01 a      1342     0    56     1    22
 -4.2472716968830376E-01 a      1343     0    56     1    23
  2.4615466074927400E-01 a      1344     0    56     1    24
  1.1335355330386445E+00 a      1345     0    57     1     1
 -1.2119214386935875E+00 a      1346     0    57     1     2
  8.9924025202896607E-01 a      1347     0    57     1     3
  7.7018794624058051E-01 a      1348     0    57     1     4
 -6.8688888375912116E-01 a      1349     0    57     1     5
 -5.2758579717583187E-01 a      1350     0    57     1     6
  2.9454393118068622E-01 a      1351     0    57     1     7
  2.8001653672530286E-01 a      1352     0    57     1     8
 -6.9057145957417543E-01 a      1353     0    57     1     9
 -5.7767996259936272E-01 a      1354     0    57     1    10
  3.5682614069150564E-01 a      1355     0    57     1    11
 -3.9751798251756770E-01 a      1356     0    57     1    12
 -9.1721562624035913E-02 a      1357     0    57     1    13
  1.5535439726702807E-01 a      1358     0    57     1    14
 -7.6943392056627802E-01 a      1359     0    57     1    15
  5.1603175468286588E-01 a      1360     0    57     1    16
 -1.1090096302035048E+00 a      1361     0    57     1    17
  1.5281126890272281E-01 a      1362     0    57     1    18
  6.4874437850693889E-01 a      1363     0    57     1    19
  1.0569948049465718E+00 a      1364     0    57     1    20
  5.9071358368399274E-01 a      1365     0    57     1    21
 -1.7596025990110559E-01 a      1366     0    57     1    22
  3.6739418603251239E-01 a      1367     0    57     1    23
  1.3411406441490692E-01 a      1368     0    57     1    24
 -2.5645675059450218E-01 a      1369     0    58     1     1
 -5.3734336830492213E-01 a      1370     0    58     1     2
 -9.0616052082037624E-01 a      1371     0    58     1     3
 -2.5762062011179404E-01 a      1372     0    58     1     4
  2.6084322375380431E-01 a      1373     0    58     1     5
  1.0082537259023505E+00 a      1374     0    58     1     6
 -1.4827896261874700E+00 a      1375     0    58     1     7
 -6.7205164171073573E-01 a      1376     0    58     1     8
  2.6698870939585623E-01 a      1377     0    58     1     9
 -1.0612058978612704E+00 a      1378     0    58     1    10
  3.6780436519181409E-01 a      1379     0    58     1    11
  7.4220297173262673E-01 a      1380     0    58     1    12
  9.6869375207335540E-01 a      1381     0    58     1    13
 -3.6780705772047384E-01 a      1382     0    58     1    14
 -2.8692887358212837E-01 a      1383     0    58     1    15
  3.6943496693054301E-02 a      1384     0    58     1    16
  2.5060383943266394E-02 a      1385     0    58     1    17
 -7.9169400442745752E-01 a      1386     0    58     1    18
  7.9496879970172218E-01 a      1387     0    58     1    19
  3.8902497053723861E-01 a      1388     0    58     1    20
 -6.0584987110704300E-02 a      1389     0    58     1    21
  5.2769070133431184E-01 a      1390     0    58     1    22
 -1.8151401706431664E-01 a      1391     0    58     1    23
  6.6867461725319577E-01 a      1392     0    58     1    24
  5.4673836133642040E-01 a      1393     0    59     1     1
  2.6522326503460392E-01 a      1394     0    59     1     2
 -4.6495909309501249E-01 a      1395     0    59     1     3
 -2.1207934392850936E-01 a      1396     0    59     1     4
 -6.5332183036641811E-01 a      1397     0    59     1     5
 -1.5161624426794790E-01 a      1398     0    59     1     6
  4.0753793148189804E-01 a      1399     0    59     1     7
 -7.0167115230425825E-01 a      1400     0    59     1     8
 -2.4336045139419468E-01 a      1401     0    59     1     9
 -4.8413944388576019E-01 a      1402     0    59     1    10
 -8.1115685162969464E-01 a      1403     0    59     1    11
 -6.9621095530268173E-01 a      1404     0    59     1    12
  5.0933119850488862E-01 a      1405     0    59     1    13
  5.4420349041894223E-01 a      1406     0    59     1    14
 -1.0078430760298087E+00 a      1407     0    59     1    15
 -3.0248283956805677E-01 a      1408     0    59     1    16
  1.9016170341945590E-01 a      1409     0    59     1    17
  4.4784005844379193E-01 a      1410     0    59     1    18
 -5.9869290686149190E-01 a      1411     0    59     1    19
 -2.2676529685339422E-01 a      1412     0    59     1    20
 -5.6543170382547370E-01 a      1413     0    59     1    21
 -7.1940049904752035E-01 a      1414     0    59     1    22
 -7.5526349853148633E-01 a      1415     0    59     1    23
  4.7902559921224264E-01 a      1416     0    59     1    24
 -9.5461144050789509E-02 a      1417     0    60     1     1
 -2.1831174737042497E-01 a      1418     0    60     1     2
  2.2989963548053552E-01 a      1419     0    60     1     3
 -3.2239683269995201E-01 a      1420     0    60     1     4
  3.8527813492750078E-02 a      1421     0    60     1     5
  6.4692595379906714E-01 a      1422     0    60     1     6
  3.7579985291289802E-01 a      1423     0    60     1     7
 -3.2487383819525550E-01 a      1424     0    60     1     8
  6.3478222880337942E-01 a      1425     0    60     1     9
 -4.2603174897683194E-01 a      1426     0    60     1    10
  2.2172447424580891E-01 a      1427     0    60     1    11
  8.2158375661070626E-01 a      1428     0    60     1    12
 -8.4565399158860230E-02 a      1429     0    60     1    13
  2.6418244874049812E-01 a      1430     0    60     1    14
  3.3619150714983698E-01 a      1431     0    60     1    15
  1.9623292133133755E-01 a      1432     0    60     1    16
 -4.0020877936657706E-01 a      1433     0    60     1    17
 -9.2132344558870494E-01 a      1434     0    60     1    18
  1.0485649009482270E+00 a      1435     0    60     1    19
 -2.9861739265130853E-02 a      1436     0    60     1    20
  2.1066177947522780E-01 a      1437     0    60     1    21
 -2.3477475479395010E-01 a      1438     0    60     1    22
 -1.3159502774907939E-01 a      1439     0    60     1    23
 -4.5524352638592003E-02 a      1440     0    60     1    24
  1.6371365631903753E-01 a      1441     0    61     1     1
 -7.3574953322092829E-01 a      1442     0    61     1     2
  4.9175313039221707E-01 a      1443     0    61     1     3
 -3.8181997721972771E-01 a      1444     0    61     1     4
 -2.4326959900162926E-02 a      1445     0    61     1     5
  3.1847482867522237E-01 a      1446     0    61     1     6
 -6.7686752661282745E-01 a      1447     0    61     1     7
  1.6041833470842962E-01 a      1448     0    61     1     8
  6.0832663685458166E-01 a      1449     0    61     1     9
 -1.3385386462359875E-01 a      1450     0    61     1    10
  1.0865420398207963E+00 a      1451     0    61     1    11
  2.1317563017645783E-01 a      1452     0    61     1    12
 -4.6086644749804684E-01 a      1453     0    61     1    13
 -3.5065983678256460E-02 a      1454     0    61     1    14
 -6.6080303351947811E-01 a      1455     0    61     1    15
  1.9723592269771423E-01 a      1456     0    61     1    16
 -4.1611681574483000E-01 a      1457     0    61     1    17
  5.7063641358756989E-01 a      1458     0    61     1    18
 -5.5971339099132356E-01 a      1459     0    61     1    19
 -7.7180095254032410E-01 a      1460     0    61     1    20
 -1.3657981617159951E-02 a      1461     0    61     1    21
  4.8544146639478575E-01 a      1462     0    61     1    22
 -7.3568966353042076E-01 a      1463     0    61     1    23
  1.2881379608491331E-01 a      1464     0    61     1    24
  5.6263343778500681E-02 a      1465     0    62     1     1
 -3.5047039800146534E-01 a      1466     0    62     1     2
  1.8450631966639733E-01 a      1467     0    62     1     3
 -4.0030011910546714E-01 a      1468     0    62     1     4
  5.6874257008495610E-01 a      1469     0    62     1     5
 -2.1805496272225522E-01 a      1470     0    62     1     6
  2.2366994410805793E-01 a      1471     0    62     1     7
 -5.6031908299827637E-01 a      1472     0    62     1     8
  2.0579727439218101E-01 a      1473     0    62     1     9
 -8.5610034654786549E-01 a      1474     0    62     1    10
  8.2952749631370815E-01 a      1475     0    62     1    11
 -3.5752617512554624E-02 a      1476     0    62     1    12
  4.7564883507353423E-01 a      1477     0    62     1    13
  4.6721692942393822E-01 a      1478     0    62     1    14
  7.6559023687667560E-01 a      1479     0    62     1    15
  6.4637206972258721E-01 a      1480     0    62     1    16
 -1.7195229224570219E-01 a      1481     0    62     1    17
  6.1117473654667909E-01 a      1482     0    62     1    18
  1.5193396409859186E-01 a      1483     0    62     1    19
 -8.1122727158483376E-01 a      1484     0    62     1    20
  5.3095983839009886E-01 a      1485     0    62     1    21
 -5.1135282376286495E-01 a      1486     0    62     1    22
 -3.9563892107707499E-01 a      1487     0    62     1    23
 -6.9812487781672330E-02 a      1488     0    62     1    24
  2.4709649142321119E-01 a      1489     0    63     1     1
 -1.6399596251167037E-01 a      1490     0    63     1     2
 -4.2702093429136978E-01 a      1491     0    63     1     3
 -5.4113225221231931E-01 a      1492     0    63     1     4
 -8.1741155506688679E-01 a      1493     0    63     1     5
  6.2962698562210484E-02 a      1494     0    63     1     6
  1.9333637686478858E-01 a      1495     0    63     1     7
  5.4241108839631758E-01 a      1496     0    63     1     8
  2.9536471834211298E-01 a      1497     0    63     1     9
  6.0300274839424717E-01 a      1498     0    63     1    10
  5.6608109146501684E-01 a      1499     0    63     1    11
 -4.9358228648877234E-01 a      1500     0    63     1    12
 -1.4724642355253242E-01 a      1501     0    63     1    13
  1.3485153606251874E+00 a      1502     0    63     1    14
  3.7474175352568234E-01 a      1503     0    63     1    15
 -4.1485210773105757E-01 a      1504     0    63     1    16
  2.6247267314668815E-01 a      1505     0    63     1    17
  8.8952689152179198E-01 a      1506     0    63     1    18
 -1.2016226920736781E+00 a      1507     0    63     1    19
  1.1531348447445611E+00 a      1508     0    63     1    20
 -6.6547835649052156E-01 a      1509     0    63     1    21
 -1.8476463903573620E-01 a      1510     0    63     1    22
  2.2004009951039019E-01 a      1511     0    63     1    23
 -6.1951325000368859E-02 a      1512     0    63     1    24
 -3.9479566794144705E-01 a      1513     0    64     1     1
  1.1349788261802758E+00 a      1514     0    64     1     2
 -1.1408294544840092E+00 a      1515     0    64     1     3
 -8.3904389896594123E-01 a      1516     0    64     1     4
 -1.5443854008736055E-01 a      1517     0    64     1     5
  4.9714340538749785E-01 a      1518     0    64     1     6
 -6.5166620635582206E-01 a      1519     0    64     1     7
  4.2170882567506623E-01 a      1520     0    64     1     8
 -3.1508693550929495E-01 a      1521     0    64     1     9
  8.4276452766066268E-01 a      1522     0    64     1    10
 -7.7065529495344232E-01 a      1523     0    64     1    11
  4.8916083118892173E-01 a      1524     0    64     1    12
 -8.2214482509080988E-01 a      1525     0    64     1    13
  5.4226944544923006E-01 a      1526     0    64     1    14
  1.2231745244559639E-02 a      1527     0    64     1    15
  6.2504510373628042E-01 a      1528     0    64     1    16
 -6.4110448822170674E-01 a      1529     0    64     1    17
  3.1613082494292138E-01 a      1530     0    64     1    18
  1.9729109372452003E-01 a      1531     0    64     1    19
 -5.6104032591447750E-01 a      1532     0    64     1    20
 -8.1897209698223794E-01 a      1533     0    64     1    21
  5.3571580725852863E-01 a      1534     0    64     1    22
  1.8711966415323775E-01 a      1535     0    64     1    23
 -3.1871128439450203E-01 a      1536     0    64     1    24
  1.7718154867648994E-01 b      1537     1     1
 -4.3400283097422769E-02 b      1538     1     2
  6.9085921797565758E-02 b      1539     1     3
  1.6064265496875216E-01 b      1540     1     4
 -3.0469202269353495E-02 b      1541     1     5
  2.5133629237558330E-01 b      1542     1     6
  3.3121576275480569E-01 b      1543     1     7
  3.3250732673576572E-01 b      1544     1     8
  2.1306262845691093E-01 b      1545     1     9
  2.0970440434944868E-01 b      1546     1    10
  7.0684445857827211E-02 b      1547     1    11
  9.8099196509914582E-02 b      1548     1    12
  2.0303575438877319E-01 b      1549     1    13
 -1.2925142920434979E-01 b      1550     1    14
  1.9947168398173798E-01 b      1551     1    15
  2.2153322623406441E-01 b      1552     1    16
  8.4246756529939487E-02 b      1553     1    17
  3.1944792698679997E-01 b      1554     1    18
  1.2932963078762556E-02 b      1555     1    19
  1.7358179678780873E-02 b      1556     1    20
 -1.8325168389815696E-01 b      1557     1    21
  4.5827884990231110E-01 b      1558     1    22
 -3.0654355404115943E-02 b      1559     1    23
  1.2945869902985827E-02 b      1560     1    24
 -2.9045802855497310E-01 a      1561     1     1     2     1
  3.6174187783095657E-01 a      1562     1     1     2     2
 -3.2212284506735328E-01 a      1563     1     1     2     3
  8.2384303397210423E-01 a      1564     1     1     2     4
 -4.3351689405026800E-01 a      1565     1     1     2     5
  1.3585563926294124E+00 a      1566     1     1     2     6
 -5.0764286936343939E-01 a      1567     1     1     2     7
  5.6171302178537086E-01 a      1568     1     1     2     8
  5.4317244242623830E-01 a      1569     1     1     2     9
  3.9747556131384665E-01 a      1570     1     1     2    10
  4.0341561879575022E-01 a      1571     1     1     2    11
  3.8879165281126404E-01 a      1572     1     1     2    12
 -3.9341076150926152E-01 a      1573     1     1     2    13
  3.3471128578087417E-01 a      1574     1     1     2    14
  8.6142644529856216E-01 a      1575     1     1     2    15
 -1.2644062000772607E-01 a      1576     1     1     2    16
 -2.3708531861263465E-01 a      1577     1     1     2    17
  1.7510419130071972E-01 a      1578     1     1     2    18
  5.3219261706194776E-01 a      1579     1     1     2    19
  7.8342116755820945E-01 a      1580     1     1     2    20
  5.6733102089303278E-01 a      1581     1     1     2    21
 -5.0221562664334651E-01 a      1582     1     1     2    22
 -1.3446223802192481E-01 a      1583     1     1     2    23
  2.5966630755556114E-01 a      1584     1     1     2    24
 -7.0553458643403377E-01 a      1585     1     2     2     1
  8.8717967172253454E-01 a      1586     1     2     2     2
  2.5738477997870352E-01 a      1587     1     2     2     3
  7.7024511305048005E-01 a      1588     1     2     2     4
  4.2002051205796620E-01 a      1589     1     2     2     5
  4.5631979942587414E-02 a      1590     1     2     2     6
  5.3190877408709947E-01 a      1591     1     2     2     7
  8.1536644510026712E-01 a      1592     1     2     2     8
  8.4232614978879305E-01 a      1593     1     2     2     9
 -4.2347216342707411E-01 a      1594     1     2     2    10
  7.3219039559046173E-01 a      1595     1     2     2    11
  7.5118738819856290E-01 a      1596     1     2     2    12
  1.4781563687541191E-01 a      1597     1     2     2    13
 -6.3695199161357874E-01 a      1598     1     2     2    14
 -7.6355429065113767E-01 a      1599     1     2     2    15
  9.0194714933150066E-02 a      1600     1     2     2    16
 -9.2738111521905697E-01 a      1601     1     2     2    17
  4.1912902740078672E-01 a      1602     1     2     2    18
 -5.4899226992298689E-01 a      1603     1     2     2    19
  9.9747841046267882E-02 a      1604     1     2     2    20
 -9.3821361133839554E-01 a      1605     1     2     2    21
 -2.8176033400639544E-01 a      1606     1     2     2    22
 -1.4866267750795026E-01 a      1607     1     2     2    23
 -3.7658647431762149E-01 a      1608     1     2     2    24
  4.3365281243123249E-01 a      1609     1     3     2     1
  9.0007634644022894E-01 a      1610     1     3     2     2
  6.1592399678085585E-01 a      1611     1     3     2     3
 -3.8687782169076479E-01 a      1612     1     3     2     4
 -1.0797640976773069E+00 a      1613     1     3     2     5
 -1.0012323353363963E+00 a      1614     1     3     2     6
  1.0420188731240998E+00 a      1615     1     3     2     7
  8.4438117928527257E-01 a      1616     1     3     2     8
  2.2803160567927139E-01 a      1617     1     3     2     9
 -5.5103346173886003E-01 a      1618     1     3     2    10
  6.8055130128254293E-01 a      1619     1     3     2    11
 -9.1728898020187144E-01 a      1620     1     3     2    12
 -9.5210375489322596E-01 a      1621     1     3     2    13
 -7.2863516830895717E-02 a      1622     1     3     2    14
  7.6603971343877608E-01 a      1623     1     3     2    15
 -5.0351798733683184E-01 a      1624     1     3     2    16
  8.6862174472518905E-01 a      1625     1     3     2    17
  6.5994799461280440E-01 a      1626     1     3     2    18
  2.8008186273771984E-01 a      1627     1     3     2    19
