################################################################################
# Neural network connection values (weights and biases).
################################################################################
# Col  Name       Description
################################################################################
# 1    connection Neural network connection value.
# 2    t          Connection type (a = weight, b = bias).
# 3    index      Index enumerating weights.
# 4    l_s        Starting point layer (end point layer for biases).
# 5    n_s        Starting point neuron in starting layer (end point neuron for biases).
# 6    l_e        End point layer.
# 7    n_e        End point neuron in end layer.
################################################################################
#                      1 2         3     4     5     6     7
#             connection t     index   l_s   n_s   l_e   n_e
############################################################
 -7.4311487847790414E-01 a         1     0     1     1     1
  7.5594460742900452E-02 a         2     0     1     1     2
 -3.2671260003628572E-01 a         3     0     1     1     3
 -5.3810783994715694E-01 a         4     0     1     1     4
  6.5926127335530738E-01 a         5     0     1     1     5
  5.0102006585893077E-01 a         6     0     1     1     6
 -1.0263489745384942E+00 a         7     0     1     1     7
 -5.7135571267203100E-01 a         8     0     1     1     8
 -2.5173625597515231E-01 a         9     0     1     1     9
  4.0223289240140089E-03 a        10     0     1     1    10
 -5.7437675732848836E-01 a        11     0     1     1    11
  1.9444461268199267E-01 a        12     0     1     1    12
  9.8405593254626644E-01 a        13     0     1     1    13
 -5.5641732449185477E-01 a        14     0     1     1    14
 -3.2068287376082183E-01 a        15     0     1     1    15
  9.2504813860332114E-01 a        16     0     2     1     1
 -1.1879132368911456E+00 a        17     0     2     1     2
 -4.8940884124986028E-01 a        18     0     2     1     3
 -6.4052645114624041E-01 a        19     0     2     1     4
  7.9767721392236768E-01 a        20     0     2     1     5
  5.1275100236210569E-01 a        21     0     2     1     6
  7.8343269806655680E-01 a        22     0     2     1     7
 -4.6640583819854242E-01 a        23     0     2     1     8
  2.3466844027034410E-02 a        24     0     2     1     9
  1.9148105588921187E+00 a        25     0     2     1    10
 -1.0998746125109905E-01 a        26     0     2     1    11
 -7.8067956971555519E-01 a        27     0     2     1    12
  1.4273241493779347E+00 a        28     0     2     1    13
  6.2412495273278766E-02 a        29     0     2     1    14
  1.5562535582540812E-01 a        30     0     2     1    15
 -3.2883863306411804E-01 a        31     0     3     1     1
 -4.6906780203533710E-01 a        32     0     3     1     2
  4.7637519431224251E-01 a        33     0     3     1     3
  3.8553080004385509E-01 a        34     0     3     1     4
  1.2280605799516544E+00 a        35     0     3     1     5
 -1.9707576427550744E-01 a        36     0     3     1     6
  9.2631003672123435E-01 a        37     0     3     1     7
 -2.1105380377403371E-01 a        38     0     3     1     8
  4.0471999430464861E-01 a        39     0     3     1     9
 -1.4409325917642554E-01 a        40     0     3     1    10
 -1.6919850425136640E+00 a        41     0     3     1    11
 -1.1154109749034486E+00 a        42     0     3     1    12
  1.7797050618888877E+00 a        43     0     3     1    13
  1.3543556227294271E-01 a        44     0     3     1    14
 -1.3861255836286177E+00 a        45     0     3     1    15
 -3.1544978689330833E-01 a        46     0     4     1     1
 -1.9159852486409878E-01 a        47     0     4     1     2
  1.3478895588999354E-01 a        48     0     4     1     3
  2.4069925947770243E-01 a        49     0     4     1     4
 -2.3693240920122671E-01 a        50     0     4     1     5
 -5.0542377169161423E-01 a        51     0     4     1     6
  2.6783796882264527E-02 a        52     0     4     1     7
  8.6694440768934733E-01 a        53     0     4     1     8
  5.0901240461882151E-02 a        54     0     4     1     9
  3.1082194986556888E-01 a        55     0     4     1    10
  8.8861642507849137E-01 a        56     0     4     1    11
 -1.3064377737720317E-01 a        57     0     4     1    12
 -9.5557617205181555E-01 a        58     0     4     1    13
  2.2022466468007804E-01 a        59     0     4     1    14
  8.6198780522240059E-02 a        60     0     4     1    15
  1.3698086121721438E+00 a        61     0     5     1     1
  7.5269820438138457E-01 a        62     0     5     1     2
 -4.2129796124907959E-01 a        63     0     5     1     3
  8.9385339008305287E-01 a        64     0     5     1     4
  5.1759299262745506E-01 a        65     0     5     1     5
 -3.3379579359793399E-01 a        66     0     5     1     6
 -1.1647829773080101E+00 a        67     0     5     1     7
  8.1983467479591765E-01 a        68     0     5     1     8
 -1.0343679139282034E+00 a        69     0     5     1     9
  1.3011745713059941E-01 a        70     0     5     1    10
 -1.6379614284036421E+00 a        71     0     5     1    11
 -9.1885898065642824E-01 a        72     0     5     1    12
 -1.9979441140661691E+00 a        73     0     5     1    13
 -3.9092166037885495E-01 a        74     0     5     1    14
 -1.0113596713645669E+00 a        75     0     5     1    15
  1.0670921698335358E+00 a        76     0     6     1     1
 -4.8517391154023190E-02 a        77     0     6     1     2
  1.4892287502014215E-01 a        78     0     6     1     3
  5.9308513665735545E-03 a        79     0     6     1     4
 -5.0153423097192298E-02 a        80     0     6     1     5
 -1.1873956268237161E-01 a        81     0     6     1     6
  1.2920110775646871E+00 a        82     0     6     1     7
 -2.4945812750768198E-01 a        83     0     6     1     8
  5.2344717514195105E-01 a        84     0     6     1     9
  2.8052165443135724E-01 a        85     0     6     1    10
 -1.1421976065613417E+00 a        86     0     6     1    11
  7.4103735721701003E-01 a        87     0     6     1    12
  3.8837189679554551E-01 a        88     0     6     1    13
 -3.2985199114196756E-02 a        89     0     6     1    14
 -2.9880791519603243E-02 a        90     0     6     1    15
  2.1039187955843914E+00 a        91     0     7     1     1
  7.1269213237590423E-01 a        92     0     7     1     2
  9.5342958966708830E-02 a        93     0     7     1     3
 -2.4142707938448896E-01 a        94     0     7     1     4
 -5.5846205780945180E-01 a        95     0     7     1     5
 -3.6528273611530504E-01 a        96     0     7     1     6
  8.1140332240411506E-01 a        97     0     7     1     7
  3.2196723465903854E-01 a        98     0     7     1     8
  1.4342233251262166E+00 a        99     0     7     1     9
  1.1607681778280894E+00 a       100     0     7     1    10
  5.1421290534535335E-01 a       101     0     7     1    11
  5.4560693479854683E-01 a       102     0     7     1    12
 -3.1434383958061285E-01 a       103     0     7     1    13
  8.5896751535381580E-02 a       104     0     7     1    14
  3.5998912843891151E-01 a       105     0     7     1    15
 -2.2527540066262866E+00 a       106     0     8     1     1
 -2.8523910711761769E+00 a       107     0     8     1     2
  3.2357828877067674E-01 a       108     0     8     1     3
 -4.3757918380243355E-01 a       109     0     8     1     4
 -9.9195909379544162E-03 a       110     0     8     1     5
 -1.4240345816851507E-01 a       111     0     8     1     6
  2.3214961561837755E+00 a       112     0     8     1     7
 -3.4423903909743020E-01 a       113     0     8     1     8
  2.3350252571656975E+00 a       114     0     8     1     9
  7.3448289624490259E-01 a       115     0     8     1    10
  1.7241369714740453E+00 a       116     0     8     1    11
  1.1427132864773004E+00 a       117     0     8     1    12
  1.1107287018085015E+00 a       118     0     8     1    13
 -1.7012373305779344E-01 a       119     0     8     1    14
 -2.7034201015556736E-01 a       120     0     8     1    15
 -4.2614667479676177E-01 a       121     0     9     1     1
  1.1077796138696040E-02 a       122     0     9     1     2
  3.4685661086771075E-01 a       123     0     9     1     3
 -1.0829424142962829E+00 a       124     0     9     1     4
 -5.6523698629106955E-01 a       125     0     9     1     5
 -4.6069404274507050E-02 a       126     0     9     1     6
  1.0528404421179907E+00 a       127     0     9     1     7
  4.1337412312587324E-01 a       128     0     9     1     8
  1.1374143623479820E+00 a       129     0     9     1     9
  1.9364635680471823E-01 a       130     0     9     1    10
  1.0047942353479775E+00 a       131     0     9     1    11
  3.2039433040354032E-01 a       132     0     9     1    12
 -8.9230654683201827E-01 a       133     0     9     1    13
  1.6021935050284735E+00 a       134     0     9     1    14
 -3.0892761670660546E-01 a       135     0     9     1    15
 -2.6933011902324484E+00 a       136     0    10     1     1
 -4.9936375833267049E-01 a       137     0    10     1     2
  1.1337173025126694E+00 a       138     0    10     1     3
 -2.7807213366843764E-01 a       139     0    10     1     4
 -4.1935086573347080E-01 a       140     0    10     1     5
 -1.6770216207830850E-03 a       141     0    10     1     6
  9.6479918134879461E-01 a       142     0    10     1     7
  8.8860320341470589E-01 a       143     0    10     1     8
  9.8663390318767630E-01 a       144     0    10     1     9
  2.1824029823026492E-02 a       145     0    10     1    10
 -2.2282954512401101E-01 a       146     0    10     1    11
 -7.7628138979079475E-01 a       147     0    10     1    12
 -1.0502405716846261E+00 a       148     0    10     1    13
  4.3424306582252570E-01 a       149     0    10     1    14
 -3.8549785244984625E-01 a       150     0    10     1    15
 -4.6435591344056187E-01 a       151     0    11     1     1
 -1.4239914555086910E+00 a       152     0    11     1     2
  9.7618048202502627E-01 a       153     0    11     1     3
  9.3270857465587331E-01 a       154     0    11     1     4
  1.6481665665349338E-01 a       155     0    11     1     5
  6.4012711801005051E-01 a       156     0    11     1     6
 -5.6188276586579511E-01 a       157     0    11     1     7
  1.5664147643158677E+00 a       158     0    11     1     8
  7.5023366380952181E-02 a       159     0    11     1     9
 -9.5238315922020633E-01 a       160     0    11     1    10
  5.3398223773385955E-01 a       161     0    11     1    11
 -3.3440112078556683E-01 a       162     0    11     1    12
 -1.8452740103892284E+00 a       163     0    11     1    13
  1.4252518195032610E-01 a       164     0    11     1    14
  2.4711579791985466E-01 a       165     0    11     1    15
 -8.9715547069969453E-02 a       166     0    12     1     1
  9.2923381861197862E-02 a       167     0    12     1     2
 -2.2099456528400316E-01 a       168     0    12     1     3
 -4.5426902119542964E-03 a       169     0    12     1     4
 -5.8026153147127546E-01 a       170     0    12     1     5
  6.0150916360714957E-01 a       171     0    12     1     6
 -2.0341729822719182E-01 a       172     0    12     1     7
 -5.8335548904012169E-01 a       173     0    12     1     8
  1.9565257234116493E-01 a       174     0    12     1     9
 -7.6929974242088628E-01 a       175     0    12     1    10
  7.1873273863087794E-01 a       176     0    12     1    11
  4.6707893920980353E-01 a       177     0    12     1    12
  7.3631672802414150E-01 a       178     0    12     1    13
 -1.0332950105641039E+00 a       179     0    12     1    14
 -2.9412286218423300E-01 a       180     0    12     1    15
 -8.7070531475351998E-01 a       181     0    13     1     1
  6.0939690999970297E-01 a       182     0    13     1     2
  1.9175414467659002E-01 a       183     0    13     1     3
 -6.0715197133924736E-01 a       184     0    13     1     4
  4.7936465370818004E-01 a       185     0    13     1     5
 -1.0451296761417073E+00 a       186     0    13     1     6
  2.2487153545714747E-01 a       187     0    13     1     7
  2.8846351937459730E-01 a       188     0    13     1     8
 -2.1140608103320013E-01 a       189     0    13     1     9
 -5.9533918222275517E-01 a       190     0    13     1    10
 -4.3634985901975387E-01 a       191     0    13     1    11
  6.0834356476779550E-01 a       192     0    13     1    12
  2.5673997001998738E-01 a       193     0    13     1    13
 -4.0460304049001278E-01 a       194     0    13     1    14
  7.9189263138033072E-01 a       195     0    13     1    15
  1.2265424208436491E+00 a       196     0    14     1     1
 -1.2298639577191170E-01 a       197     0    14     1     2
  5.4633724884581097E-02 a       198     0    14     1     3
 -3.3384927376901929E-01 a       199     0    14     1     4
  1.0415890013559452E+00 a       200     0    14     1     5
  4.1524632967829828E-01 a       201     0    14     1     6
 -5.5059515411448368E-01 a       202     0    14     1     7
 -7.1544161648461901E-01 a       203     0    14     1     8
 -1.2839026366514990E+00 a       204     0    14     1     9
 -7.8386929393955995E-01 a       205     0    14     1    10
 -6.8291556505229123E-01 a       206     0    14     1    11
  8.1068540931956512E-01 a       207     0    14     1    12
  9.5543173868543074E-01 a       208     0    14     1    13
  2.8489004552379887E-01 a       209     0    14     1    14
  7.6335404215618752E-01 a       210     0    14     1    15
  4.4198503480520496E-01 a       211     0    15     1     1
 -9.9109456368601509E-02 a       212     0    15     1     2
 -6.2568479266361006E-03 a       213     0    15     1     3
  4.4955709364150087E-01 a       214     0    15     1     4
  1.4227105452911074E-01 a       215     0    15     1     5
 -8.9156677599713618E-01 a       216     0    15     1     6
  9.6476074644298504E-01 a       217     0    15     1     7
 -1.1179169496523786E+00 a       218     0    15     1     8
 -3.9750727674617309E-01 a       219     0    15     1     9
 -2.6660072088909659E-01 a       220     0    15     1    10
 -8.6619340439918235E-01 a       221     0    15     1    11
  4.0769723614293696E-01 a       222     0    15     1    12
  9.2341506085034097E-01 a       223     0    15     1    13
 -3.9245500135151457E-01 a       224     0    15     1    14
 -2.8057495555915857E-01 a       225     0    15     1    15
 -1.5168493670915709E-01 a       226     0    16     1     1
 -8.9639066219581121E-02 a       227     0    16     1     2
 -1.9344668807330111E-02 a       228     0    16     1     3
 -7.0045710566921701E-02 a       229     0    16     1     4
  1.0351188443082135E+00 a       230     0    16     1     5
 -2.9683689081719472E-01 a       231     0    16     1     6
  8.6375954850183279E-01 a       232     0    16     1     7
  2.7573229616342104E-02 a       233     0    16     1     8
  2.2437113799604125E-01 a       234     0    16     1     9
  6.4186881328008427E-01 a       235     0    16     1    10
 -2.0538569028836412E-01 a       236     0    16     1    11
 -9.1481873303826705E-02 a       237     0    16     1    12
 -2.3460751269613367E-01 a       238     0    16     1    13
  1.4539893681979832E-01 a       239     0    16     1    14
 -6.0746959618014162E-01 a       240     0    16     1    15
 -1.0076611711353294E-01 a       241     0    17     1     1
  2.7120305222718533E-01 a       242     0    17     1     2
  2.5231122950569823E-01 a       243     0    17     1     3
  3.2145007055811664E-01 a       244     0    17     1     4
  7.8478010021741762E-01 a       245     0    17     1     5
 -1.0417201139568948E-01 a       246     0    17     1     6
  1.0467692323871451E+00 a       247     0    17     1     7
 -4.6911968950261834E-01 a       248     0    17     1     8
 -8.5868607422377952E-01 a       249     0    17     1     9
  7.7961248942197942E-02 a       250     0    17     1    10
 -6.8447797008108469E-01 a       251     0    17     1    11
  4.9309672940520558E-03 a       252     0    17     1    12
 -2.7108212159620604E-01 a       253     0    17     1    13
  5.5771479970115623E-01 a       254     0    17     1    14
  7.2131986404981030E-02 a       255     0    17     1    15
  4.3634387934786634E-01 a       256     0    18     1     1
  1.2009368125448674E+00 a       257     0    18     1     2
 -6.7801047445922427E-02 a       258     0    18     1     3
  3.6755296855584701E-01 a       259     0    18     1     4
  7.3386691385405067E-01 a       260     0    18     1     5
 -8.1431812225824884E-01 a       261     0    18     1     6
  2.4647937728156002E-02 a       262     0    18     1     7
  1.1284942201482236E-01 a       263     0    18     1     8
  2.9037860421175032E-01 a       264     0    18     1     9
 -5.3811196633632485E-01 a       265     0    18     1    10
 -2.4974574777120256E-01 a       266     0    18     1    11
  9.9603901039713494E-01 a       267     0    18     1    12
  2.4835860993633701E-02 a       268     0    18     1    13
 -2.0983524689884195E-01 a       269     0    18     1    14
 -5.8855839332918947E-01 a       270     0    18     1    15
 -4.8748717124207452E-01 a       271     0    19     1     1
 -4.2048107474370233E-01 a       272     0    19     1     2
  1.1279704588049645E-01 a       273     0    19     1     3
 -9.8311765682516150E-02 a       274     0    19     1     4
  3.6037806545985195E-03 a       275     0    19     1     5
 -1.3821954979366753E+00 a       276     0    19     1     6
  3.4431934504583345E-01 a       277     0    19     1     7
 -1.1802311503723900E-01 a       278     0    19     1     8
 -7.9023434464472009E-01 a       279     0    19     1     9
  2.9121056654268196E-01 a       280     0    19     1    10
  7.8719769183330768E-01 a       281     0    19     1    11
  7.2193177029406563E-01 a       282     0    19     1    12
 -3.8286651927480303E-01 a       283     0    19     1    13
 -4.1357085633213159E-01 a       284     0    19     1    14
  4.8413406586682584E-01 a       285     0    19     1    15
 -6.0721980923495555E-01 a       286     0    20     1     1
 -7.2941160810339201E-01 a       287     0    20     1     2
 -5.2889885237004108E-01 a       288     0    20     1     3
 -6.6939610440379338E-01 a       289     0    20     1     4
 -7.3377355610548667E-01 a       290     0    20     1     5
 -1.2524255980270917E+00 a       291     0    20     1     6
  3.3046764129020190E-01 a       292     0    20     1     7
 -7.2654471367912055E-01 a       293     0    20     1     8
  9.4365900322033847E-01 a       294     0    20     1     9
  1.0178861772358554E+00 a       295     0    20     1    10
 -7.5625930232196115E-01 a       296     0    20     1    11
 -2.6153254731246423E-01 a       297     0    20     1    12
 -9.8811832333972116E-01 a       298     0    20     1    13
  4.1618713263682772E-02 a       299     0    20     1    14
 -6.2866651559950512E-02 a       300     0    20     1    15
 -8.7800796549273941E-01 a       301     0    21     1     1
  9.6230590069791955E-01 a       302     0    21     1     2
 -1.3159525913520218E+00 a       303     0    21     1     3
 -4.7717868578463951E-01 a       304     0    21     1     4
 -6.6826016002704758E-01 a       305     0    21     1     5
 -1.6819368151534018E+00 a       306     0    21     1     6
  3.3605895601226382E-01 a       307     0    21     1     7
 -4.0121650000921285E+00 a       308     0    21     1     8
  3.2863256089984988E-01 a       309     0    21     1     9
  3.1360903609410226E-02 a       310     0    21     1    10
  3.7276554209806473E-01 a       311     0    21     1    11
 -3.4469306330796906E-01 a       312     0    21     1    12
 -5.8038611741447099E-01 a       313     0    21     1    13
 -3.5551142537250330E-01 a       314     0    21     1    14
  1.5403884796477277E-01 a       315     0    21     1    15
  4.3437892748254464E-01 a       316     0    22     1     1
  2.8031187337046312E-03 a       317     0    22     1     2
 -4.8238915731174441E-02 a       318     0    22     1     3
  1.0636176710946807E-01 a       319     0    22     1     4
 -1.1297754163188474E+00 a       320     0    22     1     5
  1.2432821307356423E+00 a       321     0    22     1     6
 -8.4156037765380742E-01 a       322     0    22     1     7
 -2.0937588484118511E-01 a       323     0    22     1     8
 -4.7186078889787075E-01 a       324     0    22     1     9
 -1.0599259603135798E+00 a       325     0    22     1    10
 -3.3717959622645166E-01 a       326     0    22     1    11
 -5.0970376236077775E-01 a       327     0    22     1    12
  4.1276663652844398E-01 a       328     0    22     1    13
 -2.4926783380869011E-01 a       329     0    22     1    14
  2.0840268323553229E-01 a       330     0    22     1    15
 -6.8312105507068133E-01 a       331     0    23     1     1
 -3.7583212997420939E-01 a       332     0    23     1     2
  2.4568016260745529E-01 a       333     0    23     1     3
 -1.6512737742815989E-02 a       334     0    23     1     4
  1.6766542259502495E-01 a       335     0    23     1     5
 -4.6777859983826988E-03 a       336     0    23     1     6
  1.0541865612335874E+00 a       337     0    23     1     7
  1.5238164503223535E+00 a       338     0    23     1     8
 -5.6787141558796461E-01 a       339     0    23     1     9
 -7.9356108754945021E-01 a       340     0    23     1    10
 -7.4088948172095070E-01 a       341     0    23     1    11
 -2.8487438764582895E-01 a       342     0    23     1    12
  5.6194462077715744E-02 a       343     0    23     1    13
 -3.9986625289644567E-01 a       344     0    23     1    14
 -2.2657619582294734E-02 a       345     0    23     1    15
 -9.4208259607412015E-01 a       346     0    24     1     1
 -3.6950402231683011E-01 a       347     0    24     1     2
  2.4607790569211505E-01 a       348     0    24     1     3
  1.2582208824642052E-01 a       349     0    24     1     4
 -6.7463639419868204E-01 a       350     0    24     1     5
  1.3861357931441414E+00 a       351     0    24     1     6
  6.0447903327293850E-01 a       352     0    24     1     7
  1.8901034730204080E+00 a       353     0    24     1     8
  1.5153904137496765E-01 a       354     0    24     1     9
  5.4423201323843939E-01 a       355     0    24     1    10
  9.1354157562203123E-02 a       356     0    24     1    11
 -1.9314385797015057E-01 a       357     0    24     1    12
  2.6208978273766587E-01 a       358     0    24     1    13
 -1.2470543472845227E-01 a       359     0    24     1    14
  8.9364999486633934E-01 a       360     0    24     1    15
 -1.2814224424311047E-02 a       361     0    25     1     1
  8.3343723243143963E-01 a       362     0    25     1     2
  6.0267219136864829E-02 a       363     0    25     1     3
 -4.4765875032673250E-02 a       364     0    25     1     4
 -3.8507788581644262E-02 a       365     0    25     1     5
 -1.6621545148208505E-01 a       366     0    25     1     6
  2.9667901322319570E-02 a       367     0    25     1     7
 -8.1108461444509630E-02 a       368     0    25     1     8
  5.7944523504046097E-01 a       369     0    25     1     9
 -3.0433366887276353E-02 a       370     0    25     1    10
  1.4058885790267403E-01 a       371     0    25     1    11
  1.1550060523573237E-01 a       372     0    25     1    12
 -2.7274824091510816E-02 a       373     0    25     1    13
  1.7481832219101628E-01 a       374     0    25     1    14
  1.2841378355786259E-01 a       375     0    25     1    15
 -2.3173201506629038E-01 a       376     0    26     1     1
  1.1502773717995916E+00 a       377     0    26     1     2
  1.6987329416380556E-01 a       378     0    26     1     3
  2.4060991441055710E-01 a       379     0    26     1     4
 -1.5734072874628202E-01 a       380     0    26     1     5
  1.0491200925333719E-02 a       381     0    26     1     6
  7.9714267585206511E-01 a       382     0    26     1     7
 -3.6028162080968856E-01 a       383     0    26     1     8
 -3.2078268999630244E-01 a       384     0    26     1     9
 -6.7892768707440498E-01 a       385     0    26     1    10
 -4.3727126900364538E-01 a       386     0    26     1    11
 -2.8004779525559370E-01 a       387     0    26     1    12
  1.4819644823629827E-01 a       388     0    26     1    13
  4.1675143013920141E-01 a       389     0    26     1    14
  8.7648909894483951E-01 a       390     0    26     1    15
 -5.5370325468628490E-01 a       391     0    27     1     1
  4.1330589430698084E-01 a       392     0    27     1     2
 -4.3124050513174905E-01 a       393     0    27     1     3
  5.0431999448812270E-01 a       394     0    27     1     4
  9.6373313172827310E-02 a       395     0    27     1     5
  1.5949871549396072E-01 a       396     0    27     1     6
 -3.0009613524127571E-01 a       397     0    27     1     7
  2.7555207303418622E-01 a       398     0    27     1     8
 -7.9277256033767030E-01 a       399     0    27     1     9
 -5.2497562593468605E-01 a       400     0    27     1    10
  7.5079086020249641E-01 a       401     0    27     1    11
 -3.3685258270250029E-01 a       402     0    27     1    12
 -5.2982167255398360E-01 a       403     0    27     1    13
 -2.0264677916305715E-01 a       404     0    27     1    14
  2.9026632033218253E-01 a       405     0    27     1    15
 -2.1636061887056046E-01 a       406     0    28     1     1
  7.2913360038121156E-01 a       407     0    28     1     2
  6.9132411644039840E-02 a       408     0    28     1     3
  1.3966527238215729E-01 a       409     0    28     1     4
 -7.7469062037376446E-01 a       410     0    28     1     5
 -7.8213557916728613E-02 a       411     0    28     1     6
  1.9819694629696599E-01 a       412     0    28     1     7
 -3.5817854540559177E-02 a       413     0    28     1     8
 -7.1019395338471014E-02 a       414     0    28     1     9
 -2.2535532256357407E-01 a       415     0    28     1    10
 -8.7185647484781048E-01 a       416     0    28     1    11
  4.4100217914989831E-01 a       417     0    28     1    12
  2.9940979832897718E-01 a       418     0    28     1    13
 -1.3120905336978042E-01 a       419     0    28     1    14
  7.1762054246121743E-01 a       420     0    28     1    15
 -2.4327927959967416E-01 a       421     0    29     1     1
 -4.4200868420970479E-01 a       422     0    29     1     2
  3.2142485028119078E-01 a       423     0    29     1     3
 -6.7418960787097038E-01 a       424     0    29     1     4
 -4.3380632812880487E-01 a       425     0    29     1     5
  1.0695659686560088E-01 a       426     0    29     1     6
  1.4432684220317554E-01 a       427     0    29     1     7
  2.1154463408877833E-01 a       428     0    29     1     8
  3.9757548362563716E-01 a       429     0    29     1     9
 -1.4156704417753851E+00 a       430     0    29     1    10
 -6.4685138245814189E-01 a       431     0    29     1    11
  1.1658665116915512E+00 a       432     0    29     1    12
  2.5009805784770717E-01 a       433     0    29     1    13
 -6.6988006320455029E-01 a       434     0    29     1    14
  2.8610677012745367E-01 a       435     0    29     1    15
 -3.4823961093663047E-01 a       436     0    30     1     1
 -4.3792120794817979E-01 a       437     0    30     1     2
  1.0502865980261209E+00 a       438     0    30     1     3
 -6.8995657099941821E-01 a       439     0    30     1     4
 -5.3807838962655841E-01 a       440     0    30     1     5
  3.2868846730419687E-01 a       441     0    30     1     6
  7.3416690961106168E-01 a       442     0    30     1     7
 -1.3288896073836343E-01 a       443     0    30     1     8
 -1.3686977615108933E-01 a       444     0    30     1     9
  7.2945104472166386E-02 a       445     0    30     1    10
 -1.4786547612231962E+00 a       446     0    30     1    11
  2.6675508685306315E-01 a       447     0    30     1    12
  4.5742814111214741E-01 a       448     0    30     1    13
  2.8172499852994520E-01 a       449     0    30     1    14
  7.0835979234527546E-01 a       450     0    30     1    15
 -1.1998421135379893E+00 a       451     0    31     1     1
  4.7364131718731955E-01 a       452     0    31     1     2
 -1.6090688853362384E-01 a       453     0    31     1     3
  6.3646310305853115E-01 a       454     0    31     1     4
  7.8814817280777577E-02 a       455     0    31     1     5
  5.7625973384081630E-01 a       456     0    31     1     6
 -9.9002834975767917E-01 a       457     0    31     1     7
 -2.7973288191585760E-01 a       458     0    31     1     8
  9.2735222427028929E-01 a       459     0    31     1     9
  2.1337287367459423E-01 a       460     0    31     1    10
 -3.3069076667213576E-01 a       461     0    31     1    11
 -2.2865568876167353E-02 a       462     0    31     1    12
  2.0657306790498015E-01 a       463     0    31     1    13
 -8.8436687989463428E-02 a       464     0    31     1    14
 -5.8490268322177497E-01 a       465     0    31     1    15
  1.4752663046166128E+00 a       466     0    32     1     1
  5.2981566346816250E-03 a       467     0    32     1     2
 -2.2742068326459811E-02 a       468     0    32     1     3
 -4.2603771912565452E-01 a       469     0    32     1     4
  1.2147148275145578E+00 a       470     0    32     1     5
  8.4003375512799550E-01 a       471     0    32     1     6
 -8.0129871908534089E-01 a       472     0    32     1     7
  9.3694626457786767E-01 a       473     0    32     1     8
 -5.1942635710221785E-01 a       474     0    32     1     9
  4.8889318925771852E-01 a       475     0    32     1    10
  1.8733436866134368E-01 a       476     0    32     1    11
  1.2560035693219337E-01 a       477     0    32     1    12
  5.1931793170482610E-01 a       478     0    32     1    13
  5.3756093060781507E-01 a       479     0    32     1    14
 -7.7339038035401320E-01 a       480     0    32     1    15
 -1.8624657418302599E+00 a       481     0    33     1     1
  9.2615256412503666E-01 a       482     0    33     1     2
  1.1429338019651261E-01 a       483     0    33     1     3
 -5.0430127759297327E-01 a       484     0    33     1     4
 -1.0368944907743716E+00 a       485     0    33     1     5
  4.0507693196003135E-02 a       486     0    33     1     6
 -2.6667652356761595E-01 a       487     0    33     1     7
  2.1469472596444392E-01 a       488     0    33     1     8
 -1.4275996833550972E+00 a       489     0    33     1     9
 -2.2433640471053051E+00 a       490     0    33     1    10
  5.2470571454662673E-01 a       491     0    33     1    11
  1.3720188378288034E+00 a       492     0    33     1    12
 -9.1872414654649670E-01 a       493     0    33     1    13
  1.3216467839556018E-01 a       494     0    33     1    14
  2.1008880570418620E-01 a       495     0    33     1    15
  1.9240710563044314E-01 a       496     0    34     1     1
  5.5353790476376141E-01 a       497     0    34     1     2
  1.1744264972870956E-01 a       498     0    34     1     3
  5.3767286647455115E-02 a       499     0    34     1     4
 -1.6894725347336237E-01 a       500     0    34     1     5
 -1.3864740385022950E-01 a       501     0    34     1     6
 -8.6852246295273369E-02 a       502     0    34     1     7
 -5.5336459047360453E-02 a       503     0    34     1     8
  1.6650572193786972E-01 a       504     0    34     1     9
 -1.7605264587075173E-01 a       505     0    34     1    10
 -4.7093363400583887E-01 a       506     0    34     1    11
  3.3994824026062259E-01 a       507     0    34     1    12
  1.9593144303500803E-01 a       508     0    34     1    13
  3.6771338454667755E-02 a       509     0    34     1    14
  2.5920789355576085E-01 a       510     0    34     1    15
  6.3228831827406892E-02 a       511     0    35     1     1
 -2.4758623245719574E-01 a       512     0    35     1     2
  1.1095455604744800E-01 a       513     0    35     1     3
 -9.4494058015955312E-02 a       514     0    35     1     4
  9.6385894753732108E-03 a       515     0    35     1     5
  3.5297459369971168E-02 a       516     0    35     1     6
 -2.0681372173899998E-01 a       517     0    35     1     7
  5.6261720602005488E-02 a       518     0    35     1     8
  7.6829680467916509E-02 a       519     0    35     1     9
  3.5769280624458825E-02 a       520     0    35     1    10
  4.8055925389815479E-01 a       521     0    35     1    11
  1.0271839240560487E-01 a       522     0    35     1    12
  1.3952116981785515E-01 a       523     0    35     1    13
 -1.7041205096216175E-01 a       524     0    35     1    14
 -2.1801809582839841E-02 a       525     0    35     1    15
 -1.0637109004388037E-02 a       526     0    36     1     1
 -2.5501593611749118E-01 a       527     0    36     1     2
  1.1092874965882560E-01 a       528     0    36     1     3
 -1.3374816482301358E-01 a       529     0    36     1     4
 -5.9365160460336498E-02 a       530     0    36     1     5
  1.0669037423139810E-01 a       531     0    36     1     6
 -2.7739991420188825E-01 a       532     0    36     1     7
  6.9605563050531033E-02 a       533     0    36     1     8
 -4.8845586847243838E-01 a       534     0    36     1     9
  6.0866931734141305E-01 a       535     0    36     1    10
  5.2313617615487173E-01 a       536     0    36     1    11
  4.6274814076498738E-01 a       537     0    36     1    12
 -7.3492034133448750E-02 a       538     0    36     1    13
 -1.3020658868486110E-01 a       539     0    36     1    14
 -2.3647156310611603E-01 a       540     0    36     1    15
 -1.6961941413973461E-01 a       541     0    37     1     1
  2.0253267064424627E-01 a       542     0    37     1     2
 -3.5119074626590696E-02 a       543     0    37     1     3
 -2.3206500400418156E-01 a       544     0    37     1     4
  8.6534032925922905E-02 a       545     0    37     1     5
  5.6110816904539028E-02 a       546     0    37     1     6
 -5.4826154608154876E-01 a       547     0    37     1     7
  1.1829810970109046E-01 a       548     0    37     1     8
 -8.0972624104926549E-01 a       549     0    37     1     9
 -1.7133854402482451E-01 a       550     0    37     1    10
  1.5975405950821403E-01 a       551     0    37     1    11
  2.0871277634415781E-02 a       552     0    37     1    12
 -3.4120157012128111E-01 a       553     0    37     1    13
  1.6795673173770931E-01 a       554     0    37     1    14
 -1.9058211881076367E-01 a       555     0    37     1    15
  2.3199726378698371E-01 a       556     0    38     1     1
  1.1188348450383245E+00 a       557     0    38     1     2
  6.6877032559062866E-01 a       558     0    38     1     3
  9.9668649480634441E-01 a       559     0    38     1     4
  7.1561640508154722E-02 a       560     0    38     1     5
 -3.5027089688609747E-01 a       561     0    38     1     6
 -7.4334877364569252E-01 a       562     0    38     1     7
 -2.5750473440786709E-02 a       563     0    38     1     8
  6.1527232867762216E-01 a       564     0    38     1     9
 -8.8858065642077111E-01 a       565     0    38     1    10
 -3.0594568117355664E-01 a       566     0    38     1    11
 -2.6281256783211787E-01 a       567     0    38     1    12
  1.0424146226950642E-01 a       568     0    38     1    13
 -8.4110741348200146E-01 a       569     0    38     1    14
 -3.9996417119751194E-02 a       570     0    38     1    15
  2.2122002396749332E-01 a       571     0    39     1     1
 -1.7552309559996440E-02 a       572     0    39     1     2
 -5.2604709670077310E-01 a       573     0    39     1     3
  2.1517716426470149E-01 a       574     0    39     1     4
 -1.6416019619897251E-01 a       575     0    39     1     5
  3.4161307876199781E-01 a       576     0    39     1     6
 -1.4039159871646079E+00 a       577     0    39     1     7
  5.5079258394757191E-02 a       578     0    39     1     8
 -3.8556241659380669E-01 a       579     0    39     1     9
 -4.4501792603830803E-01 a       580     0    39     1    10
  4.4137373580316247E-01 a       581     0    39     1    11
 -4.6023146208971250E-01 a       582     0    39     1    12
  1.0914592393733748E-01 a       583     0    39     1    13
 -2.5517403500188063E-01 a       584     0    39     1    14
  1.1966570354485018E-01 a       585     0    39     1    15
  3.0284786469980135E-01 a       586     0    40     1     1
  1.1636948372953064E+00 a       587     0    40     1     2
 -5.9754501347703504E-01 a       588     0    40     1     3
  7.4272054617776029E-01 a       589     0    40     1     4
 -1.1148877454624773E-01 a       590     0    40     1     5
  3.3197569727345132E-02 a       591     0    40     1     6
 -9.3588463029955549E-01 a       592     0    40     1     7
 -3.2910307339997008E-01 a       593     0    40     1     8
  3.5156171082725340E-01 a       594     0    40     1     9
 -1.2188836143833555E+00 a       595     0    40     1    10
 -4.0447918813208128E-01 a       596     0    40     1    11
 -9.7807040188686534E-01 a       597     0    40     1    12
  4.6977621592866592E-01 a       598     0    40     1    13
  6.1562832975328341E-01 a       599     0    40     1    14
  7.0518851307636243E-01 a       600     0    40     1    15
  3.7718856011891361E-01 a       601     0    41     1     1
 -3.4593793556488583E-01 a       602     0    41     1     2
  5.8990037699520781E-01 a       603     0    41     1     3
  3.3793925864866131E-01 a       604     0    41     1     4
 -1.1137991229250228E+00 a       605     0    41     1     5
  3.1020620258043086E-01 a       606     0    41     1     6
 -6.9578366978377981E-01 a       607     0    41     1     7
 -4.0588539754481778E-01 a       608     0    41     1     8
  7.4154459039352882E-01 a       609     0    41     1     9
 -1.5098556067068420E+00 a       610     0    41     1    10
 -1.0500773424383620E+00 a       611     0    41     1    11
 -9.7393495813343278E-01 a       612     0    41     1    12
  8.5002173559199301E-01 a       613     0    41     1    13
  2.6323714178516566E-01 a       614     0    41     1    14
  6.8635719418450214E-01 a       615     0    41     1    15
  1.8940172099775590E-01 a       616     0    42     1     1
 -2.1038515274437702E-01 a       617     0    42     1     2
  1.9884773591921862E-01 a       618     0    42     1     3
 -1.0469698873856638E-01 a       619     0    42     1     4
 -7.1031495756453822E-01 a       620     0    42     1     5
  1.1100467026443683E-01 a       621     0    42     1     6
  1.3291637239118831E-01 a       622     0    42     1     7
  4.5799767667643789E-03 a       623     0    42     1     8
  3.3199552692230749E-01 a       624     0    42     1     9
  1.5214374905505218E-01 a       625     0    42     1    10
 -7.8553967142289960E-02 a       626     0    42     1    11
  3.7956212963942870E-01 a       627     0    42     1    12
  3.6416947657457632E-01 a       628     0    42     1    13
  1.8990143475145513E-01 a       629     0    42     1    14
  5.1528641064525516E-01 a       630     0    42     1    15
  1.2062561041092922E-02 a       631     0    43     1     1
 -6.4462781748996878E-01 a       632     0    43     1     2
 -5.6843089664974933E-01 a       633     0    43     1     3
  1.1783721603260554E-01 a       634     0    43     1     4
 -2.3243999621436628E-01 a       635     0    43     1     5
  6.6434230516482251E-01 a       636     0    43     1     6
 -4.9851969278665353E-01 a       637     0    43     1     7
  4.7886928326018202E-01 a       638     0    43     1     8
  5.2281309396830367E-01 a       639     0    43     1     9
 -2.1792102410676203E-01 a       640     0    43     1    10
  9.4818687849476324E-01 a       641     0    43     1    11
 -1.1719073135596298E+00 a       642     0    43     1    12
 -5.9590415304126142E-02 a       643     0    43     1    13
 -1.5134263247730287E-01 a       644     0    43     1    14
  1.3991554642144248E+00 a       645     0    43     1    15
 -4.7005315347146992E-01 a       646     0    44     1     1
 -7.2066790391833135E-01 a       647     0    44     1     2
 -1.2998864566741788E+00 a       648     0    44     1     3
 -1.4728375948231531E-01 a       649     0    44     1     4
 -2.8722990197825832E-01 a       650     0    44     1     5
  3.2998254711899216E-01 a       651     0    44     1     6
  9.9964001108362663E-02 a       652     0    44     1     7
 -2.3002854447537108E-01 a       653     0    44     1     8
  6.0540445981974944E-01 a       654     0    44     1     9
 -1.0397028944739062E+00 a       655     0    44     1    10
 -9.8887767676874327E-01 a       656     0    44     1    11
 -2.4276232820718865E-01 a       657     0    44     1    12
  3.9018616461384331E-01 a       658     0    44     1    13
  1.0278369247498131E+00 a       659     0    44     1    14
  7.3653421004950470E-01 a       660     0    44     1    15
 -6.5789093598769632E-01 a       661     0    45     1     1
  1.0564234913149821E+00 a       662     0    45     1     2
  9.2232786357636998E-01 a       663     0    45     1     3
  6.5948449346539451E-01 a       664     0    45     1     4
  3.0623446179947050E-01 a       665     0    45     1     5
 -6.4462359604735009E-01 a       666     0    45     1     6
  5.8856012539035074E-01 a       667     0    45     1     7
 -5.3356430301123126E-01 a       668     0    45     1     8
  4.4222750163489355E-01 a       669     0    45     1     9
 -8.2839381665108525E-01 a       670     0    45     1    10
 -3.3753034684279309E-01 a       671     0    45     1    11
 -3.5241120133307285E-01 a       672     0    45     1    12
 -7.1976281066322434E-01 a       673     0    45     1    13
  8.2093073855869148E-01 a       674     0    45     1    14
  3.5095551904382788E-01 a       675     0    45     1    15
  3.4185347783248948E-01 a       676     0    46     1     1
 -1.1393141533839342E-01 a       677     0    46     1     2
  1.1344894918745296E+00 a       678     0    46     1     3
 -1.2012211238272184E+00 a       679     0    46     1     4
 -4.6760784908510300E-01 a       680     0    46     1     5
  1.4229124605617996E-01 a       681     0    46     1     6
 -4.2506473849338595E-02 a       682     0    46     1     7
 -2.9868108523913606E-01 a       683     0    46     1     8
  1.2465667123138970E+00 a       684     0    46     1     9
 -1.7449532738880846E-02 a       685     0    46     1    10
 -1.8700031374136356E-01 a       686     0    46     1    11
 -4.2917660302265026E-01 a       687     0    46     1    12
  2.1270504371493598E-01 a       688     0    46     1    13
 -7.7322070459432568E-01 a       689     0    46     1    14
  7.2911088453726758E-01 a       690     0    46     1    15
  5.5036444496957715E-01 a       691     0    47     1     1
  7.1239412391459822E-01 a       692     0    47     1     2
 -1.2959960960875946E-01 a       693     0    47     1     3
  5.1090263566244368E-02 a       694     0    47     1     4
  1.8150508033960107E+00 a       695     0    47     1     5
 -8.5817490458219303E-01 a       696     0    47     1     6
  1.6626598654197464E-01 a       697     0    47     1     7
  2.5724617109390052E-01 a       698     0    47     1     8
  2.1496527785584851E-01 a       699     0    47     1     9
 -8.5050803824729723E-02 a       700     0    47     1    10
 -5.0812076150951024E-01 a       701     0    47     1    11
  6.0761699756566867E-01 a       702     0    47     1    12
 -1.4793934851376405E+00 a       703     0    47     1    13
 -2.8114164471613173E-01 a       704     0    47     1    14
 -4.5342940536799402E-03 a       705     0    47     1    15
 -7.3741577762561650E-01 a       706     0    48     1     1
 -2.9330527044172683E-01 a       707     0    48     1     2
 -6.5367047092360631E-01 a       708     0    48     1     3
 -5.5163885121532241E-01 a       709     0    48     1     4
  6.4970796460055158E-01 a       710     0    48     1     5
  2.8020407260651775E-01 a       711     0    48     1     6
 -3.8716645546603912E-01 a       712     0    48     1     7
 -1.0551640518026667E-01 a       713     0    48     1     8
 -8.8342857987438872E-01 a       714     0    48     1     9
  5.6322839906607927E-02 a       715     0    48     1    10
  5.0330665261221874E-01 a       716     0    48     1    11
 -7.4094913899184378E-01 a       717     0    48     1    12
 -9.2568192791710791E-01 a       718     0    48     1    13
  3.4022863948792542E-01 a       719     0    48     1    14
 -4.0393186947512100E-01 a       720     0    48     1    15
  8.1366789668481598E-01 a       721     0    49     1     1
 -1.8200163133434297E-02 a       722     0    49     1     2
 -5.4088647376873777E-01 a       723     0    49     1     3
 -1.0081005515194779E+00 a       724     0    49     1     4
  9.6164596174845307E-01 a       725     0    49     1     5
  6.5531736749442537E-01 a       726     0    49     1     6
  9.6556277848067662E-01 a       727     0    49     1     7
 -8.4834891686419667E-01 a       728     0    49     1     8
 -8.5082765514462722E-01 a       729     0    49     1     9
  7.0096981606680020E-01 a       730     0    49     1    10
  1.9907530340969404E-01 a       731     0    49     1    11
  3.3591575529059070E-01 a       732     0    49     1    12
  5.1950374335446026E-01 a       733     0    49     1    13
  7.9595046609971665E-01 a       734     0    49     1    14
  9.0905308783246352E-01 a       735     0    49     1    15
 -9.7544441586460945E-02 a       736     0    50     1     1
  2.3116756167998839E-01 a       737     0    50     1     2
 -2.9021532259773947E-01 a       738     0    50     1     3
 -2.1808215296036465E-02 a       739     0    50     1     4
 -7.4330935003385487E-02 a       740     0    50     1     5
  1.0664714649230078E-01 a       741     0    50     1     6
 -1.6583536487095552E-01 a       742     0    50     1     7
  1.1894799752497999E-02 a       743     0    50     1     8
 -3.0171241997176057E-01 a       744     0    50     1     9
 -1.9348304641648766E-02 a       745     0    50     1    10
 -1.3036124460783058E-03 a       746     0    50     1    11
 -3.0908100197000216E-01 a       747     0    50     1    12
 -9.4022945112264139E-02 a       748     0    50     1    13
  1.4507776676884737E-01 a       749     0    50     1    14
  2.0981817439226674E-01 a       750     0    50     1    15
  4.3652059778795875E-02 a       751     0    51     1     1
 -3.7418594438242736E-01 a       752     0    51     1     2
  1.0839036729829651E-01 a       753     0    51     1     3
 -2.2916841927775050E-01 a       754     0    51     1     4
 -1.1845312433631916E-01 a       755     0    51     1     5
  1.7822349241389385E-01 a       756     0    51     1     6
  3.8209721183365047E-01 a       757     0    51     1     7
  6.0177040164296957E-03 a       758     0    51     1     8
 -5.4992094138728520E-01 a       759     0    51     1     9
  3.4787360828083241E-01 a       760     0    51     1    10
 -2.2218451277764173E-01 a       761     0    51     1    11
  7.7223908663610216E-02 a       762     0    51     1    12
 -7.2205503315923888E-02 a       763     0    51     1    13
 -2.7177946397634739E-01 a       764     0    51     1    14
  7.0502026829198691E-02 a       765     0    51     1    15
 -5.8358588085924090E-01 a       766     0    52     1     1
  7.7925338446934764E-02 a       767     0    52     1     2
  2.1691335955902802E-01 a       768     0    52     1     3
  2.9224951122998433E-01 a       769     0    52     1     4
  1.1902382928494787E-01 a       770     0    52     1     5
 -3.8100067700746497E-02 a       771     0    52     1     6
  7.5216032202138683E-01 a       772     0    52     1     7
 -2.9625677706432946E-01 a       773     0    52     1     8
 -7.5018853991390888E-01 a       774     0    52     1     9
  3.4329961000937093E-01 a       775     0    52     1    10
 -7.1909292141348435E-01 a       776     0    52     1    11
  6.5948216808124616E-01 a       777     0    52     1    12
 -1.5994485857615320E-01 a       778     0    52     1    13
  3.6813578638040780E-02 a       779     0    52     1    14
  1.7301741178694141E-01 a       780     0    52     1    15
  5.8361667721013977E-01 a       781     0    53     1     1
  4.2381142001301014E-01 a       782     0    53     1     2
  7.5530103670505566E-01 a       783     0    53     1     3
  1.4149396680482951E-01 a       784     0    53     1     4
  4.9953711555757568E-01 a       785     0    53     1     5
 -1.9703548546113239E-01 a       786     0    53     1     6
  7.0060303983691918E-01 a       787     0    53     1     7
  1.0012015003300737E-01 a       788     0    53     1     8
 -6.7642942739965994E-01 a       789     0    53     1     9
 -1.8664590619490234E-01 a       790     0    53     1    10
  9.8767466220697181E-02 a       791     0    53     1    11
  8.2105033851286230E-02 a       792     0    53     1    12
 -1.9786310859988726E-01 a       793     0    53     1    13
 -1.0890907668369585E+00 a       794     0    53     1    14
 -5.2129694453298248E-01 a       795     0    53     1    15
  9.9753951677792341E-01 a       796     0    54     1     1
  2.1450152968247895E-02 a       797     0    54     1     2
 -7.3533297624012484E-01 a       798     0    54     1     3
  3.1652841216382621E-01 a       799     0    54     1     4
 -3.7429504205566422E-01 a       800     0    54     1     5
  6.3012736630827781E-01 a       801     0    54     1     6
 -8.9788108301920111E-01 a       802     0    54     1     7
  6.6995601568341112E-02 a       803     0    54     1     8
 -2.0204549998685670E+00 a       804     0    54     1     9
  1.4588250407700054E+00 a       805     0    54     1    10
  2.2796585618238349E-01 a       806     0    54     1    11
  4.3893782241550361E-01 a       807     0    54     1    12
  1.4874654312729607E-01 a       808     0    54     1    13
 -4.8899123841438913E-01 a       809     0    54     1    14
 -9.5002059436818855E-03 a       810     0    54     1    15
 -5.1443897245868975E-01 a       811     0    55     1     1
  9.4721242123910787E-01 a       812     0    55     1     2
 -6.2600804498178919E-01 a       813     0    55     1     3
  7.7324675703791923E-01 a       814     0    55     1     4
 -5.6563468655780880E-01 a       815     0    55     1     5
  1.1038648263584383E-01 a       816     0    55     1     6
  2.8399069899630430E-01 a       817     0    55     1     7
 -3.7738334854008254E-01 a       818     0    55     1     8
 -1.3504934346081841E+00 a       819     0    55     1     9
  5.8919433861821513E-01 a       820     0    55     1    10
  1.1309440046859105E-01 a       821     0    55     1    11
 -4.6320105314033228E-01 a       822     0    55     1    12
 -1.2092809794189663E-01 a       823     0    55     1    13
  7.8362165102652148E-01 a       824     0    55     1    14
  5.4658700686293604E-01 a       825     0    55     1    15
  1.7362940552764766E-01 a       826     0    56     1     1
  3.7496799607744291E-01 a       827     0    56     1     2
 -6.0837425272258572E-01 a       828     0    56     1     3
  4.8869695435395649E-01 a       829     0    56     1     4
 -6.4230581614412807E-01 a       830     0    56     1     5
  6.3814364364994591E-01 a       831     0    56     1     6
 -2.2791055936974128E-01 a       832     0    56     1     7
 -2.7802027779449878E-01 a       833     0    56     1     8
 -1.4576146885546764E+00 a       834     0    56     1     9
  1.2203481014161299E-02 a       835     0    56     1    10
  1.2786278942635725E+00 a       836     0    56     1    11
  8.9303755775499871E-02 a       837     0    56     1    12
  6.7159803487790981E-01 a       838     0    56     1    13
  2.8760742565274738E-01 a       839     0    56     1    14
 -3.1124990972160776E-01 a       840     0    56     1    15
 -1.4043352637903972E+00 a       841     0    57     1     1
 -7.8635271775902293E-01 a       842     0    57     1     2
 -4.2328823219250078E-02 a       843     0    57     1     3
 -2.7124413509580642E-01 a       844     0    57     1     4
 -3.4964834559892555E-01 a       845     0    57     1     5
  1.4015607186409715E-01 a       846     0    57     1     6
 -4.8815194123298634E-02 a       847     0    57     1     7
  2.5996941282967426E-02 a       848     0    57     1     8
 -2.3069494852013743E-03 a       849     0    57     1     9
 -3.8888976277342885E-01 a       850     0    57     1    10
  1.6777680211455688E+00 a       851     0    57     1    11
  1.9907698373455579E-01 a       852     0    57     1    12
  4.3330721827600149E-01 a       853     0    57     1    13
 -8.3948060316127074E-02 a       854     0    57     1    14
 -2.4544985848677775E-01 a       855     0    57     1    15
 -7.8687424534738859E-01 a       856     0    58     1     1
 -2.4362374373775353E-01 a       857     0    58     1     2
  3.3725865097525609E-01 a       858     0    58     1     3
  4.1109380531578554E-01 a       859     0    58     1     4
 -5.7240760036997607E-01 a       860     0    58     1     5
 -8.7361460456031922E-02 a       861     0    58     1     6
  4.0174698282242544E-02 a       862     0    58     1     7
 -9.5390724958680187E-02 a       863     0    58     1     8
  7.5803257155262938E-01 a       864     0    58     1     9
  4.0761466921484640E-01 a       865     0    58     1    10
 -5.2686184366113975E-01 a       866     0    58     1    11
  2.9672485625396500E-01 a       867     0    58     1    12
  6.4270770064600091E-01 a       868     0    58     1    13
 -2.2020348848304713E-01 a       869     0    58     1    14
 -4.4232059920997935E-02 a       870     0    58     1    15
 -7.3835276670225680E-01 a       871     0    59     1     1
 -7.5981819698406428E-01 a       872     0    59     1     2
 -2.5215554215731850E-01 a       873     0    59     1     3
  8.6045087017172256E-02 a       874     0    59     1     4
  5.9962197547196894E-01 a       875     0    59     1     5
 -9.2059781445240296E-02 a       876     0    59     1     6
 -1.5669474940800743E+00 a       877     0    59     1     7
 -5.1346127164360877E-01 a       878     0    59     1     8
  3.3635104025128280E-02 a       879     0    59     1     9
 -1.4431251768959349E-01 a       880     0    59     1    10
  1.7615592525834878E-01 a       881     0    59     1    11
 -1.9140980210127545E-01 a       882     0    59     1    12
  1.5670607392731270E-01 a       883     0    59     1    13
  1.2475570469689098E-01 a       884     0    59     1    14
 -1.0010261327290693E+00 a       885     0    59     1    15
 -2.1324906918323844E-01 a       886     0    60     1     1
 -2.3589556255673266E-01 a       887     0    60     1     2
  2.0080592953557588E-01 a       888     0    60     1     3
 -4.9731191981285744E-01 a       889     0    60     1     4
 -3.3381194845472578E-01 a       890     0    60     1     5
  8.3352869031489918E-02 a       891     0    60     1     6
 -7.8297219009109173E-02 a       892     0    60     1     7
 -1.9554814119593263E-02 a       893     0    60     1     8
  7.6639777885178378E-04 a       894     0    60     1     9
  4.9798525590806952E-01 a       895     0    60     1    10
  5.3140917008542188E-01 a       896     0    60     1    11
  1.6975452839261354E-01 a       897     0    60     1    12
 -5.6155641119377500E-02 a       898     0    60     1    13
  4.3023610775943566E-01 a       899     0    60     1    14
  2.7484426040450383E-01 a       900     0    60     1    15
 -9.6005861450398067E-01 a       901     0    61     1     1
 -2.0760335992116941E-01 a       902     0    61     1     2
  6.8178416650689175E-02 a       903     0    61     1     3
 -2.8002934941297974E-01 a       904     0    61     1     4
  4.7462019520747206E-01 a       905     0    61     1     5
 -5.5347757554642063E-01 a       906     0    61     1     6
  4.4346719935759243E-01 a       907     0    61     1     7
  8.4643697478406610E-01 a       908     0    61     1     8
 -1.3032177510238702E-01 a       909     0    61     1     9
 -7.8670572798112748E-01 a       910     0    61     1    10
  1.2353215907712463E-02 a       911     0    61     1    11
  1.2365404119646803E+00 a       912     0    61     1    12
 -7.0123318985793193E-01 a       913     0    61     1    13
 -4.8493520647067134E-01 a       914     0    61     1    14
 -8.6772832694705404E-01 a       915     0    61     1    15
  6.9077954198328162E-01 a       916     0    62     1     1
  7.6820766691696662E-01 a       917     0    62     1     2
 -2.4601662454085652E-01 a       918     0    62     1     3
  8.0076113232766677E-01 a       919     0    62     1     4
  5.3275390647119647E-01 a       920     0    62     1     5
 -2.6700308376475235E-01 a       921     0    62     1     6
 -1.0671151906189027E+00 a       922     0    62     1     7
  1.2699773896296729E-01 a       923     0    62     1     8
  1.2510606291125756E-01 a       924     0    62     1     9
 -1.1078010265720517E+00 a       925     0    62     1    10
 -3.8866775729890107E-01 a       926     0    62     1    11
 -8.4510138188217743E-01 a       927     0    62     1    12
 -4.8225408904297035E-01 a       928     0    62     1    13
 -3.2288606810505133E-01 a       929     0    62     1    14
  1.0220954963520568E-01 a       930     0    62     1    15
 -4.1879271665730528E-01 a       931     0    63     1     1
 -7.5235166387940866E-02 a       932     0    63     1     2
  2.5697059281241913E-01 a       933     0    63     1     3
 -6.5178368294119426E-01 a       934     0    63     1     4
 -8.7513656858821426E-02 a       935     0    63     1     5
 -3.4836642531255474E-01 a       936     0    63     1     6
  1.4580098218561246E+00 a       937     0    63     1     7
  2.2007426638436489E-01 a       938     0    63     1     8
  1.8957616628051603E+00 a       939     0    63     1     9
 -8.3439253544832959E-01 a       940     0    63     1    10
 -3.7867712945112764E-01 a       941     0    63     1    11
  1.3918394659132791E-01 a       942     0    63     1    12
  4.6528085734804842E-01 a       943     0    63     1    13
  3.3866645098018670E-02 a       944     0    63     1    14
  1.1583050289455818E-01 a       945     0    63     1    15
  5.7295666047653911E-02 a       946     0    64     1     1
  9.1137620912116935E-01 a       947     0    64     1     2
  1.7736351098258679E-01 a       948     0    64     1     3
  2.4130070208957838E-01 a       949     0    64     1     4
 -1.5198672649910627E+00 a       950     0    64     1     5
 -8.7412837673019306E-01 a       951     0    64     1     6
 -3.1101574944401966E-01 a       952     0    64     1     7
  1.1123656139919169E+00 a       953     0    64     1     8
  4.9088948464294752E-01 a       954     0    64     1     9
 -7.9380269679017867E-01 a       955     0    64     1    10
  7.8220697813246087E-01 a       956     0    64     1    11
  2.3055029330195634E-01 a       957     0    64     1    12
 -1.4358590986443898E+00 a       958     0    64     1    13
 -2.2015200987770983E-01 a       959     0    64     1    14
 -5.3598590613137176E-01 a       960     0    64     1    15
 -5.8091694636516844E-01 b       961     1     1
 -4.5594732197689038E-02 b       962     1     2
  5.3989375652060112E-01 b       963     1     3
  4.7386801185716398E-01 b       964     1     4
  4.9099443925284436E-01 b       965     1     5
 -1.1868914624236609E-01 b       966     1     6
  3.8035917352501097E-01 b       967     1     7
  7.7343162422173750E-01 b       968     1     8
  5.4322356146290640E-01 b       969     1     9
 -3.2882147657324357E-01 b       970     1    10
 -1.0128445924297431E-01 b       971     1    11
 -2.7518837415217403E-02 b       972     1    12
  1.1702074266685041E-01 b       973     1    13
  5.8434330897604844E-02 b       974     1    14
 -1.4429407412644335E-01 b       975     1    15
  2.1731120959185846E-01 a       976     1     1     2     1
 -2.6591739016306071E-01 a       977     1     1     2     2
 -1.7222295169487400E-01 a       978     1     1     2     3
  4.3335942338902041E-02 a       979     1     1     2     4
  8.6066382618535042E-01 a       980     1     1     2     5
 -5.7563351634589066E-01 a       981     1     1     2     6
 -6.8348521241867854E-02 a       982     1     1     2     7
  8.8106099913736768E-01 a       983     1     1     2     8
 -1.0268030828000914E-01 a       984     1     1     2     9
  5.4308602174836684E-01 a       985     1     1     2    10
 -9.8730681036105428E-01 a       986     1     1     2    11
  3.2621830903560067E-01 a       987     1     1     2    12
  1.0591512658813635E-02 a       988     1     1     2    13
 -1.8433389122963141E-02 a       989     1     1     2    14
  3.8883727577560101E-01 a       990     1     1     2    15
 -8.9384998166586249E-01 a       991     1     2     2     1
  6.7316180326987296E-01 a       992     1     2     2     2
  5.5219030286464788E-01 a       993     1     2     2     3
 -5.8347902153925857E-01 a       994     1     2     2     4
  1.0711997315368358E+00 a       995     1     2     2     5
 -5.8543260072121217E-01 a       996     1     2     2     6
  1.5908781738329335E-02 a       997     1     2     2     7
  1.4557698982508420E+00 a       998     1     2     2     8
 -2.1534925799183618E-01 a       999     1     2     2     9
  5.6124169480301067E-01 a      1000     1     2     2    10
 -8.1274277899848091E-02 a      1001     1     2     2    11
 -9.4383009481607535E-02 a      1002     1     2     2    12
 -3.7468606418410388E-01 a      1003     1     2     2    13
  6.3745356304416145E-01 a      1004     1     2     2    14
 -6.5809087810064337E-01 a      1005     1     2     2    15
  5.2825352973451323E-01 a      1006     1     3     2     1
 -7.4409570944133668E-02 a      1007     1     3     2     2
  9.2044418972955866E-01 a      1008     1     3     2     3
 -4.1336413121874485E-04 a      1009     1     3     2     4
 -2.0492210729106874E+00 a      1010     1     3     2     5
 -4.8499510983317740E-01 a      1011     1     3     2     6
  1.3323769946963095E+00 a      1012     1     3     2     7
 -2.3802580503419674E-01 a      1013     1     3     2     8
  3.4132643355480186E-01 a      1014     1     3     2     9
 -5.3966942298255116E-01 a      1015     1     3     2    10
 -9.3064652273191473E-01 a      1016     1     3     2    11
  3.9165013973199503E-01 a      1017     1     3     2    12
 -9.8393487072316010E-01 a      1018     1     3     2    13
  1.4478941329392589E-01 a      1019     1     3     2    14
  8.3225032167983370E-01 a      1020     1     3     2    15
 -3.1451381931984274E-01 a      1021     1     4     2     1
 -9.1137309663091207E-02 a      1022     1     4     2     2
  1.5759945165329505E+00 a      1023     1     4     2     3
 -6.6952888166172772E-02 a      1024     1     4     2     4
 -5.2158725050164700E-01 a      1025     1     4     2     5
  8.2785837190455203E-01 a      1026     1     4     2     6
 -2.0790278976198895E+00 a      1027     1     4     2     7
  1.0582537630810089E+00 a      1028     1     4     2     8
 -2.8538465315307093E-01 a      1029     1     4     2     9
 -3.5024689684182386E-01 a      1030     1     4     2    10
  8.0194745753356755E-01 a      1031     1     4     2    11
 -1.3090705377288334E+00 a      1032     1     4     2    12
 -2.9053391457832439E-01 a      1033     1     4     2    13
 -1.5392447613336108E-01 a      1034     1     4     2    14
  4.1453504397254914E-01 a      1035     1     4     2    15
  1.1546905562974612E+00 a      1036     1     5     2     1
 -1.3468751750815242E+00 a      1037     1     5     2     2
  1.0282411554046356E+00 a      1038     1     5     2     3
  1.6745133711608637E+00 a      1039     1     5     2     4
  8.6004209785523611E-01 a      1040     1     5     2     5
  3.6170964718178061E-01 a      1041     1     5     2     6
 -7.9848722562667818E-01 a      1042     1     5     2     7
 -5.1663187164227076E-02 a      1043     1     5     2     8
  2.4364063270959840E-01 a      1044     1     5     2     9
 -1.3131316992000283E-01 a      1045     1     5     2    10
  1.1127746396681923E+00 a      1046     1     5     2    11
  9.5084954907841968E-03 a      1047     1     5     2    12
 -1.2285910211859354E+00 a      1048     1     5     2    13
 -4.6426674151724079E-01 a      1049     1     5     2    14
  4.2450831144351842E-01 a      1050     1     5     2    15
  3.7617412256418870E-01 a      1051     1     6     2     1
  6.6044127119136631E-01 a      1052     1     6     2     2
 -4.0942466770111141E-01 a      1053     1     6     2     3
 -6.7485724763815036E-01 a      1054     1     6     2     4
 -9.2190557301852150E-01 a      1055     1     6     2     5
 -9.5766367805777153E-01 a      1056     1     6     2     6
  1.2519864319298253E+00 a      1057     1     6     2     7
  6.5030522494600651E-01 a      1058     1     6     2     8
  1.1290195791771551E+00 a      1059     1     6     2     9
  8.4898761500563091E-01 a      1060     1     6     2    10
 -1.1754119966413212E+00 a      1061     1     6     2    11
 -8.9404829671998898E-01 a      1062     1     6     2    12
  9.1746502355332593E-01 a      1063     1     6     2    13
 -5.8311189823458498E-01 a      1064     1     6     2    14
 -3.4146270014505498E-01 a      1065     1     6     2    15
 -1.1414780276227039E+00 a      1066     1     7     2     1
  2.0979808121294086E-01 a      1067     1     7     2     2
  5.8143645465637672E-01 a      1068     1     7     2     3
  1.8483592756087081E-01 a      1069     1     7     2     4
 -1.4277197977626113E+00 a      1070     1     7     2     5
 -5.4834301593036705E-01 a      1071     1     7     2     6
 -1.1787429920711621E-01 a      1072     1     7     2     7
 -7.1289748506578743E-01 a      1073     1     7     2     8
 -2.2192010229992262E-01 a      1074     1     7     2     9
 -8.1364071045037500E-01 a      1075     1     7     2    10
  2.7973091395154345E-02 a      1076     1     7     2    11
  8.9730236014084985E-01 a      1077     1     7     2    12
  1.1057306588156741E+00 a      1078     1     7     2    13
 -2.3754654292825511E-01 a      1079     1     7     2    14
 -1.3382579432224528E-01 a      1080     1     7     2    15
 -8.4661536274549820E-01 a      1081     1     8     2     1
 -1.2107444073030700E+00 a      1082     1     8     2     2
  9.1457060630448017E-01 a      1083     1     8     2     3
  1.2575253787714695E+00 a      1084     1     8     2     4
  8.1532868370204259E-01 a      1085     1     8     2     5
 -1.4870024676956277E+00 a      1086     1     8     2     6
 -3.4027282253269682E-02 a      1087     1     8     2     7
  3.2899765018484989E-01 a      1088     1     8     2     8
  6.5040803621455046E-01 a      1089     1     8     2     9
 -1.6206539439456505E-01 a      1090     1     8     2    10
 -1.5013854169940015E+00 a      1091     1     8     2    11
  4.9832121148265174E-01 a      1092     1     8     2    12
  1.6703218203760821E+00 a      1093     1     8     2    13
 -5.3484026835717813E-01 a      1094     1     8     2    14
  9.5675758167081337E-01 a      1095     1     8     2    15
  6.6187841731189123E-01 a      1096     1     9     2     1
  7.7420397098235547E-02 a      1097     1     9     2     2
 -5.8314682680843455E-01 a      1098     1     9     2     3
 -8.2046296998169499E-01 a      1099     1     9     2     4
 -1.2424574233537760E+00 a      1100     1     9     2     5
 -6.3320736799471686E-02 a      1101     1     9     2     6
  3.4329331769704702E-01 a      1102     1     9     2     7
 -3.3443262683789401E+00 a      1103     1     9     2     8
  1.6105968680906843E-01 a      1104     1     9     2     9
  1.4932815619779374E+00 a      1105     1     9     2    10
  2.0231395592512549E-01 a      1106     1     9     2    11
  2.7945614679422226E-01 a      1107     1     9     2    12
  2.7001983791378764E-01 a      1108     1     9     2    13
  5.2126080644760181E-02 a      1109     1     9     2    14
 -5.0266465942149374E-01 a      1110     1     9     2    15
  5.0316326779833231E-01 a      1111     1    10     2     1
  2.0079320837211992E-01 a      1112     1    10     2     2
  7.2263307815074496E-01 a      1113     1    10     2     3
  5.9181619640633432E-01 a      1114     1    10     2     4
 -3.9109123436989490E-01 a      1115     1    10     2     5
 -5.6453077472878943E-01 a      1116     1    10     2     6
  6.7821189519158709E-01 a      1117     1    10     2     7
 -7.2766274454645552E-01 a      1118     1    10     2     8
  8.0058871205656454E-02 a      1119     1    10     2     9
 -2.2737381912721880E-01 a      1120     1    10     2    10
  1.0368216418461800E+00 a      1121     1    10     2    11
  2.9269840928054508E-01 a      1122     1    10     2    12
 -3.7372067884230170E-01 a      1123     1    10     2    13
 -4.9910083047797033E-01 a      1124     1    10     2    14
 -6.5186743536234293E-01 a      1125     1    10     2    15
 -6.7837219486084499E-01 a      1126     1    11     2     1
  2.1962937438618987E-01 a      1127     1    11     2     2
 -1.1690516045988903E+00 a      1128     1    11     2     3
 -9.3400812586230053E-01 a      1129     1    11     2     4
  6.0254329361994641E-01 a      1130     1    11     2     5
 -9.4846463823905613E-01 a      1131     1    11     2     6
 -2.4143955775896414E-01 a      1132     1    11     2     7
 -1.3804781221389790E+00 a      1133     1    11     2     8
  5.5508108660806399E-01 a      1134     1    11     2     9
  8.7977779449139615E-01 a      1135     1    11     2    10
  3.6596620661914336E-01 a      1136     1    11     2    11
  8.2320039051750937E-01 a      1137     1    11     2    12
 -9.6885121717801781E-02 a      1138     1    11     2    13
  1.5173018690009323E+00 a      1139     1    11     2    14
 -6.7937446027060711E-01 a      1140     1    11     2    15
  1.6824530762054677E+00 a      1141     1    12     2     1
 -5.6832308322885683E-01 a      1142     1    12     2     2
 -1.7245547532839289E-01 a      1143     1    12     2     3
  4.5358676003951692E-01 a      1144     1    12     2     4
 -8.7301867515400011E-01 a      1145     1    12     2     5
  1.4287932870624702E+00 a      1146     1    12     2     6
  9.8340866528555659E-01 a      1147     1    12     2     7
 -5.6339248637371575E-01 a      1148     1    12     2     8
 -2.8859351506236924E-01 a      1149     1    12     2     9
  1.0207055273527832E+00 a      1150     1    12     2    10
  5.6808586016988460E-01 a      1151     1    12     2    11
  1.0728776560875704E-01 a      1152     1    12     2    12
  1.8306948717760452E-01 a      1153     1    12     2    13
 -3.9471894098264446E-02 a      1154     1    12     2    14
  2.8289211430266614E-01 a      1155     1    12     2    15
 -1.0749771110152038E+00 a      1156     1    13     2     1
  1.1155986779833924E+00 a      1157     1    13     2     2
 -7.1884741871199798E-01 a      1158     1    13     2     3
 -1.4571486479865678E+00 a      1159     1    13     2     4
  6.9895783217941687E-01 a      1160     1    13     2     5
  1.5358353356613021E+00 a      1161     1    13     2     6
 -1.0676624503542240E+00 a      1162     1    13     2     7
 -1.5449717773625826E+00 a      1163     1    13     2     8
  2.9377999207937194E-01 a      1164     1    13     2     9
 -1.1763551349661527E+00 a      1165     1    13     2    10
  7.7412148477827414E-01 a      1166     1    13     2    11
 -1.0369024689329398E+00 a      1167     1    13     2    12
 -9.8901238887757939E-02 a      1168     1    13     2    13
  2.2600619615886983E+00 a      1169     1    13     2    14
 -9.6513603038576112E-01 a      1170     1    13     2    15
  9.9148357167022017E-01 a      1171     1    14     2     1
  9.1896933131739877E-01 a      1172     1    14     2     2
 -2.9755763077936946E-02 a      1173     1    14     2     3
 -1.8684126891385535E+00 a      1174     1    14     2     4
 -8.3068037498034417E-02 a      1175     1    14     2     5
 -4.4975230364681612E-01 a      1176     1    14     2     6
 -9.9166875252596465E-01 a      1177     1    14     2     7
  7.5418575770879737E-01 a      1178     1    14     2     8
  5.3191885332944222E-01 a      1179     1    14     2     9
 -1.1200316156885042E-01 a      1180     1    14     2    10
  1.1836955482809772E+00 a      1181     1    14     2    11
 -2.0048612786053555E-01 a      1182     1    14     2    12
  6.1202263890540787E-02 a      1183     1    14     2    13
  3.6396926440534266E-01 a      1184     1    14     2    14
 -1.2307085717154245E+00 a      1185     1    14     2    15
  1.0304484514692187E+00 a      1186     1    15     2     1
  6.4395203601789630E-01 a      1187     1    15     2     2
 -2.5795131907559238E-01 a      1188     1    15     2     3
 -1.6655519622442301E+00 a      1189     1    15     2     4
 -1.0803241630104907E+00 a      1190     1    15     2     5
 -9.7136602604332239E-02 a      1191     1    15     2     6
  7.7470953100735251E-01 a      1192     1    15     2     7
  4.0218571078005472E-01 a      1193     1    15     2     8
  2.7830798723439892E-01 a      1194     1    15     2     9
 -6.3690238900383023E-01 a      1195     1    15     2    10
 -1.9501852943826431E-01 a      1196     1    15     2    11
  1.3434980807501167E+00 a      1197     1    15     2    12
  2.9335882173244643E-01 a      1198     1    15     2    13
  1.0145085973176886E+00 a      1199     1    15     2    14
 -1.1102372377548148E-02 a      1200     1    15     2    15
  7.6277366032098989E-02 b      1201     2     1
 -1.1591679725820068E+00 b      1202     2     2
  7.1552753886668041E-01 b      1203     2     3
  4.7553190561511714E-02 b      1204     2     4
  7.5771559808343270E-02 b      1205     2     5
  2.0314871675512788E-01 b      1206     2     6
 -2.6308139733284565E-03 b      1207     2     7
 -9.1606022385960106E-01 b      1208     2     8
  1.7301076701663114E+00 b      1209     2     9
 -6.7328050664832662E-02 b      1210     2    10
 -8.8420068639257099E-01 b      1211     2    11
 -6.9979178200260228E-02 b      1212     2    12
  9.9894633117429321E-01 b      1213     2    13
  3.4578206638672315E-01 b      1214     2    14
  3.4337186817588972E-01 b      1215     2    15
 -6.4298068085789717E-01 a      1216     2     1     3     1
  5.4284430392481986E-01 a      1217     2     2     3     1
 -1.1337410871862184E+00 a      1218     2     3     3     1
  3.9191546107209790E-01 a      1219     2     4     3     1
  7.0425224195979386E-01 a      1220     2     5     3     1
  4.6822771783962286E-01 a      1221     2     6     3     1
  1.4996233886435573E-01 a      1222     2     7     3     1
  4.7603332476418286E-01 a      1223     2     8     3     1
 -1.9104024122601284E+00 a      1224     2     9     3     1
  1.8502751405145890E-01 a      1225     2    10     3     1
  4.6937964323305720E-01 a      1226     2    11     3     1
  5.6416907610754674E-01 a      1227     2    12     3     1
 -8.9658781594386738E-01 a      1228     2    13     3     1
 -8.8244036681337867E-01 a      1229     2    14     3     1
 -5.8848778166476134E-01 a      1230     2    15     3     1
 -4.5365493453091693E-01 b      1231     3     1
