################################################################################
# Neural network connection values (weights and biases).
################################################################################
# Col  Name       Description
################################################################################
# 1    connection Neural network connection value.
# 2    t          Connection type (a = weight, b = bias).
# 3    index      Index enumerating weights.
# 4    l_s        Starting point layer (end point layer for biases).
# 5    n_s        Starting point neuron in starting layer (end point neuron for biases).
# 6    l_e        End point layer.
# 7    n_e        End point neuron in end layer.
################################################################################
#                      1 2         3     4     5     6     7
#             connection t     index   l_s   n_s   l_e   n_e
############################################################
 -2.4822808003658237E+00 a         1     0     1     1     1
  8.6703508327637540E+00 a         2     0     1     1     2
 -6.8156889653482384E+00 a         3     0     1     1     3
  7.1078358586836723E+00 a         4     0     1     1     4
 -9.0807554711468761E+00 a         5     0     1     1     5
 -1.5528289467257995E+01 a         6     0     1     1     6
 -2.9121292781473116E+00 a         7     0     1     1     7
  1.7918976578621542E+01 a         8     0     1     1     8
 -9.9464096070450694E+00 a         9     0     1     1     9
  1.7593644614032731E+00 a        10     0     1     1    10
 -4.2738737849227046E+00 a        11     0     1     1    11
  1.7563022409242901E+01 a        12     0     1     1    12
 -1.2268162433869710E+01 a        13     0     1     1    13
  1.0014182779275231E+00 a        14     0     1     1    14
 -4.2303485548693391E+00 a        15     0     1     1    15
 -9.2201066944207213E+00 a        16     0     1     1    16
  2.5870201489416744E-01 a        17     0     1     1    17
 -1.2463862299877238E+01 a        18     0     1     1    18
 -9.2457454034865894E+00 a        19     0     1     1    19
  5.0841828063627954E+00 a        20     0     1     1    20
  2.5345749972435265E+00 a        21     0     1     1    21
  7.6376911502879468E+00 a        22     0     1     1    22
 -3.5191046550958540E+00 a        23     0     1     1    23
  2.0947092925568221E+01 a        24     0     1     1    24
 -2.5838452983198934E+00 a        25     0     2     1     1
 -1.8120738634391009E-01 a        26     0     2     1     2
  2.3097054872620504E+00 a        27     0     2     1     3
  4.6047244771398982E-01 a        28     0     2     1     4
  9.5716899307246239E-01 a        29     0     2     1     5
  2.8980518748659994E+00 a        30     0     2     1     6
  2.2452838764741773E-01 a        31     0     2     1     7
 -2.0120521740432000E+00 a        32     0     2     1     8
 -1.6341622008873959E+00 a        33     0     2     1     9
 -1.4184054396757386E+00 a        34     0     2     1    10
  5.4522288908752292E-01 a        35     0     2     1    11
  8.9771410356124837E-01 a        36     0     2     1    12
  5.3312821376118946E-01 a        37     0     2     1    13
  4.6762715303412750E-01 a        38     0     2     1    14
 -1.6618430841915439E+00 a        39     0     2     1    15
 -4.2467388094978059E-01 a        40     0     2     1    16
  5.6520534987606907E-01 a        41     0     2     1    17
  5.1866644081216262E-01 a        42     0     2     1    18
  2.3031295394066484E+00 a        43     0     2     1    19
  1.1271896344427026E+00 a        44     0     2     1    20
  7.8761341596236456E-01 a        45     0     2     1    21
  1.3734599353005932E+00 a        46     0     2     1    22
  2.2090282928171301E+00 a        47     0     2     1    23
 -8.9764588026838343E-01 a        48     0     2     1    24
  9.2264556111827933E-01 a        49     0     3     1     1
  5.6165020868384452E-01 a        50     0     3     1     2
  2.3493291591674268E+00 a        51     0     3     1     3
 -2.8878455045479159E+00 a        52     0     3     1     4
 -1.9601379759518981E-02 a        53     0     3     1     5
  4.1867490876129674E+00 a        54     0     3     1     6
 -1.1883903723313414E+00 a        55     0     3     1     7
 -3.7744950687039864E+00 a        56     0     3     1     8
  1.1474648523677922E+00 a        57     0     3     1     9
 -1.8694721143665949E+00 a        58     0     3     1    10
  1.6443398019508448E+00 a        59     0     3     1    11
 -1.1875489902143488E+00 a        60     0     3     1    12
  1.2946072174094985E+00 a        61     0     3     1    13
 -4.8963113607446102E-01 a        62     0     3     1    14
 -1.0743960918846420E+00 a        63     0     3     1    15
 -1.4552794896218082E+00 a        64     0     3     1    16
  7.4715618437327291E-01 a        65     0     3     1    17
  6.0413966163303419E-03 a        66     0     3     1    18
  2.2035112059250794E+00 a        67     0     3     1    19
  9.4750043634995684E-01 a        68     0     3     1    20
 -4.8711769262316174E-01 a        69     0     3     1    21
 -1.0365313190217427E+00 a        70     0     3     1    22
 -1.8270817129363628E+00 a        71     0     3     1    23
 -5.1707504038999630E-01 a        72     0     3     1    24
  8.1453262521992231E-01 a        73     0     4     1     1
 -6.6158823527942445E-01 a        74     0     4     1     2
 -1.4784945802925886E+00 a        75     0     4     1     3
  1.1664453863077027E+00 a        76     0     4     1     4
 -9.9994779999622208E-01 a        77     0     4     1     5
 -3.0872729241621161E-01 a        78     0     4     1     6
  1.4324726548144753E+00 a        79     0     4     1     7
  2.7271365211885183E+00 a        80     0     4     1     8
  4.0719759074721396E-01 a        81     0     4     1     9
 -1.4600598621508454E-01 a        82     0     4     1    10
 -3.8307446024282529E-02 a        83     0     4     1    11
 -7.0195890099468161E-01 a        84     0     4     1    12
  1.1753308684783563E+00 a        85     0     4     1    13
 -2.2697665472374786E+00 a        86     0     4     1    14
  1.1957002747125449E-01 a        87     0     4     1    15
 -2.2172595256551579E-03 a        88     0     4     1    16
 -3.1736180380472390E-01 a        89     0     4     1    17
 -1.4457268307748006E+00 a        90     0     4     1    18
 -5.3762486135198595E-01 a        91     0     4     1    19
 -6.7469821766849980E-01 a        92     0     4     1    20
 -2.1901317045183480E-01 a        93     0     4     1    21
 -2.0869935307920143E-01 a        94     0     4     1    22
 -1.1257813915048689E+00 a        95     0     4     1    23
  1.1058021552114790E+00 a        96     0     4     1    24
 -4.1083269414232026E-01 a        97     0     5     1     1
  3.1982582430682455E-01 a        98     0     5     1     2
 -1.4056188577067916E+00 a        99     0     5     1     3
  2.4197543080811239E+00 a       100     0     5     1     4
  5.3073993035143219E-01 a       101     0     5     1     5
 -1.9827301458209916E+00 a       102     0     5     1     6
  1.3384139629159064E+00 a       103     0     5     1     7
  1.8401731158219705E+00 a       104     0     5     1     8
 -1.0202159397253867E+00 a       105     0     5     1     9
  7.8823131604439922E-01 a       106     0     5     1    10
 -1.5125485692986498E+00 a       107     0     5     1    11
  1.1177782978752822E+00 a       108     0     5     1    12
 -4.0443207922194063E-01 a       109     0     5     1    13
 -1.7251018306008040E-01 a       110     0     5     1    14
  6.5086761345356980E-01 a       111     0     5     1    15
  4.2039145425871877E-01 a       112     0     5     1    16
 -1.0489403778120407E+00 a       113     0     5     1    17
 -1.2526985479975208E+00 a       114     0     5     1    18
 -9.6822978631488099E-01 a       115     0     5     1    19
 -4.4023406724056746E-01 a       116     0     5     1    20
  1.0272423406523454E-01 a       117     0     5     1    21
  7.6223392192205486E-01 a       118     0     5     1    22
  9.7094007132020943E-01 a       119     0     5     1    23
  1.5614553445174459E-01 a       120     0     5     1    24
  3.5183905010634426E+01 a       121     0     6     1     1
 -5.7259613223163317E+00 a       122     0     6     1     2
  1.3931757296905861E+01 a       123     0     6     1     3
  1.6219601798863760E+01 a       124     0     6     1     4
 -4.3098281509573667E+01 a       125     0     6     1     5
 -2.1668326669438500E+01 a       126     0     6     1     6
  2.0923504123124438E+01 a       127     0     6     1     7
  2.3860493687264377E+01 a       128     0     6     1     8
 -1.7163145265434164E+01 a       129     0     6     1     9
 -7.4926075038220112E+00 a       130     0     6     1    10
 -9.4463387052963110E+00 a       131     0     6     1    11
  2.2052216249137228E+01 a       132     0     6     1    12
  2.7194692688338968E+01 a       133     0     6     1    13
 -4.9530808912976219E+01 a       134     0     6     1    14
  1.9741729341089624E+01 a       135     0     6     1    15
  3.3044868490014096E+01 a       136     0     6     1    16
  1.6887625522897876E+00 a       137     0     6     1    17
  1.9434035197592888E+01 a       138     0     6     1    18
 -1.2104737251794363E+01 a       139     0     6     1    19
 -1.4097447866872283E+01 a       140     0     6     1    20
 -2.7111558211668179E+01 a       141     0     6     1    21
 -6.4699448058749766E+01 a       142     0     6     1    22
 -6.9972772859234965E+01 a       143     0     6     1    23
  2.2400980679357506E+01 a       144     0     6     1    24
 -2.3658904827815914E+00 a       145     0     7     1     1
  3.4248729993778504E+00 a       146     0     7     1     2
  1.0772370129713144E+01 a       147     0     7     1     3
  3.7259681398245043E+01 a       148     0     7     1     4
  3.2949701792665643E+01 a       149     0     7     1     5
 -3.6737064613105090E+01 a       150     0     7     1     6
  4.5904290723186563E+01 a       151     0     7     1     7
 -1.2815360124734697E+01 a       152     0     7     1     8
 -1.7016074722064232E+01 a       153     0     7     1     9
 -6.9363300206168663E+00 a       154     0     7     1    10
 -1.3111983740983058E+01 a       155     0     7     1    11
 -2.5295121713243045E+01 a       156     0     7     1    12
  4.8392832973518864E+01 a       157     0     7     1    13
  6.3260034112120849E+00 a       158     0     7     1    14
 -1.8140819618609487E+00 a       159     0     7     1    15
  1.0202962397003366E+01 a       160     0     7     1    16
 -3.3130352509263453E+01 a       161     0     7     1    17
  2.6653179697796983E+01 a       162     0     7     1    18
 -3.6726504042891892E+00 a       163     0     7     1    19
  3.8190686306887734E+01 a       164     0     7     1    20
  4.1100772592642514E+00 a       165     0     7     1    21
  1.1872094727842047E+01 a       166     0     7     1    22
  5.2342421287975567E+00 a       167     0     7     1    23
 -5.4015265582028547E+01 a       168     0     7     1    24
  3.2976142785016712E+01 a       169     0     8     1     1
  1.9815822370623515E+00 a       170     0     8     1     2
 -1.7603480147911050E+01 a       171     0     8     1     3
 -6.8691333894492983E+00 a       172     0     8     1     4
  4.1307038964607138E+01 a       173     0     8     1     5
  3.9161151313875074E+01 a       174     0     8     1     6
  8.1761436907786589E+00 a       175     0     8     1     7
 -1.2714692292917315E+01 a       176     0     8     1     8
  9.6696114138540601E+00 a       177     0     8     1     9
  1.2985109066771493E+01 a       178     0     8     1    10
  9.7542092844982387E-01 a       179     0     8     1    11
 -5.4555314370715507E+01 a       180     0     8     1    12
 -4.2100981940963926E+01 a       181     0     8     1    13
  2.3088284507872633E+01 a       182     0     8     1    14
  1.0198499046681066E+01 a       183     0     8     1    15
  2.9052034465158417E+01 a       184     0     8     1    16
 -7.5474669365098190E+00 a       185     0     8     1    17
 -2.5613810787399580E+00 a       186     0     8     1    18
  2.9466772057386992E+00 a       187     0     8     1    19
  2.4427907653066192E+01 a       188     0     8     1    20
 -4.1217764560768025E+01 a       189     0     8     1    21
  5.4737023353854802E+01 a       190     0     8     1    22
  8.9433407088904517E+01 a       191     0     8     1    23
 -1.5388290294709812E+01 a       192     0     8     1    24
 -3.0182301478617322E+01 a       193     0     9     1     1
 -2.8205239863585305E+01 a       194     0     9     1     2
  1.4256095948996727E+01 a       195     0     9     1     3
 -2.2863828878216257E+01 a       196     0     9     1     4
 -3.0903250949047074E+01 a       197     0     9     1     5
  3.8362387675862458E+01 a       198     0     9     1     6
 -4.5952579106472179E+01 a       199     0     9     1     7
 -1.1096042395886938E+01 a       200     0     9     1     8
  1.3673765647117460E+01 a       201     0     9     1     9
  3.5674327400857422E+01 a       202     0     9     1    10
  2.5836177494696710E+01 a       203     0     9     1    11
  2.3665023073891707E+01 a       204     0     9     1    12
 -1.3839699851423589E+01 a       205     0     9     1    13
  5.1742408754371061E+00 a       206     0     9     1    14
 -1.8053489443308603E+01 a       207     0     9     1    15
  6.4348560664164253E+01 a       208     0     9     1    16
  2.2610283587829585E+01 a       209     0     9     1    17
 -3.9284825771327867E+01 a       210     0     9     1    18
  1.3983947462736023E+01 a       211     0     9     1    19
 -6.1980771924996169E+01 a       212     0     9     1    20
 -3.2467555074150205E+01 a       213     0     9     1    21
 -9.0603098380395028E+00 a       214     0     9     1    22
 -5.7028040676899687E+00 a       215     0     9     1    23
  2.1184753879774519E+01 a       216     0     9     1    24
 -9.7109338002888759E+00 a       217     0    10     1     1
 -1.0037438615539702E+00 a       218     0    10     1     2
 -8.6637441932317616E-01 a       219     0    10     1     3
  1.0136674159817436E+00 a       220     0    10     1     4
  5.2114349091924552E+00 a       221     0    10     1     5
  2.9304476622341289E+00 a       222     0    10     1     6
 -5.3869603967025537E+00 a       223     0    10     1     7
 -2.5141074065947984E+00 a       224     0    10     1     8
 -1.7960546197298728E+00 a       225     0    10     1     9
 -4.1130220357795473E+00 a       226     0    10     1    10
  1.8716360644172678E+00 a       227     0    10     1    11
 -6.7217867748994420E-01 a       228     0    10     1    12
 -1.3027937181523490E+00 a       229     0    10     1    13
  4.4473647078151002E+00 a       230     0    10     1    14
 -4.3891596073204306E+00 a       231     0    10     1    15
 -2.2768516427976420E+00 a       232     0    10     1    16
  6.9891761853317780E-01 a       233     0    10     1    17
 -2.9107686242306730E+00 a       234     0    10     1    18
  3.9675443172064955E+00 a       235     0    10     1    19
  1.3320603366630150E+00 a       236     0    10     1    20
  4.0931123386770114E+00 a       237     0    10     1    21
  1.2682373535123530E+01 a       238     0    10     1    22
  1.1983649819507823E+01 a       239     0    10     1    23
 -3.9126055694976389E+00 a       240     0    10     1    24
 -6.0579577511192433E+00 a       241     0    11     1     1
 -6.6469075959364119E+00 a       242     0    11     1     2
 -4.9488580619423974E+00 a       243     0    11     1     3
 -9.6968325867342262E+00 a       244     0    11     1     4
  1.8654848727753772E+00 a       245     0    11     1     5
 -4.1391171559910598E+00 a       246     0    11     1     6
 -5.4827200203151172E+00 a       247     0    11     1     7
  4.0881832788091730E+00 a       248     0    11     1     8
 -8.9833521362494970E+00 a       249     0    11     1     9
 -1.7333925893517570E+01 a       250     0    11     1    10
 -3.1579680728956090E+00 a       251     0    11     1    11
  7.2821778509611619E+00 a       252     0    11     1    12
 -1.1366166686315541E+01 a       253     0    11     1    13
  3.4007800554507228E-01 a       254     0    11     1    14
  4.4099362705672487E+00 a       255     0    11     1    15
  6.1424134087050275E+00 a       256     0    11     1    16
 -4.8106332452466800E+00 a       257     0    11     1    17
  5.4496705355755584E+00 a       258     0    11     1    18
 -5.4428226485252784E+00 a       259     0    11     1    19
 -4.4472159892195312E-01 a       260     0    11     1    20
 -8.9757134278550303E+00 a       261     0    11     1    21
 -5.1922555155653329E+00 a       262     0    11     1    22
 -4.8751866428282984E+00 a       263     0    11     1    23
  3.1059839788142387E+00 a       264     0    11     1    24
 -6.1493162219512820E+00 a       265     0    12     1     1
  4.1050102033405039E-01 a       266     0    12     1     2
  6.7907883667709621E+00 a       267     0    12     1     3
 -2.7089184375126170E+00 a       268     0    12     1     4
  4.7974937160924682E+00 a       269     0    12     1     5
 -1.8790672017217178E+00 a       270     0    12     1     6
 -1.3674248692539031E+01 a       271     0    12     1     7
 -6.4992638060764563E-01 a       272     0    12     1     8
 -4.5030068800974039E+00 a       273     0    12     1     9
 -6.7461258085379026E+00 a       274     0    12     1    10
 -9.5875921142481477E+00 a       275     0    12     1    11
 -2.5577595283304118E-02 a       276     0    12     1    12
  7.5677798993792977E-01 a       277     0    12     1    13
  5.7535945000249844E-01 a       278     0    12     1    14
  1.8486008124451385E+00 a       279     0    12     1    15
 -6.8029080135543163E+00 a       280     0    12     1    16
 -1.3143815998573265E+00 a       281     0    12     1    17
  1.2593100498271420E+01 a       282     0    12     1    18
 -9.0396972540829523E+00 a       283     0    12     1    19
  2.9803510618460016E-01 a       284     0    12     1    20
 -5.2514173108063993E+00 a       285     0    12     1    21
 -4.6836681931968460E+00 a       286     0    12     1    22
 -4.8799011573859365E+00 a       287     0    12     1    23
 -3.2367812829516973E+00 a       288     0    12     1    24
 -4.4020215709782420E+00 a       289     0    13     1     1
 -3.8182856382798991E+00 a       290     0    13     1     2
  4.6663150121653585E+00 a       291     0    13     1     3
  1.3043716252788817E+00 a       292     0    13     1     4
  3.1156647920412452E+00 a       293     0    13     1     5
  1.3371837164990064E-01 a       294     0    13     1     6
 -4.8675408039741869E-01 a       295     0    13     1     7
 -4.6576883525784973E+00 a       296     0    13     1     8
 -5.9317727189507172E+00 a       297     0    13     1     9
 -2.7870495445308408E-01 a       298     0    13     1    10
  1.1384862182523506E-01 a       299     0    13     1    11
 -3.4144264412536236E+00 a       300     0    13     1    12
  4.5185332856756153E+00 a       301     0    13     1    13
 -5.9457146788290540E+00 a       302     0    13     1    14
  2.6941778006819894E+00 a       303     0    13     1    15
  8.3957434457144609E-01 a       304     0    13     1    16
  3.0653284982288960E+00 a       305     0    13     1    17
 -6.0059762849452695E-04 a       306     0    13     1    18
  6.6073460407632671E+00 a       307     0    13     1    19
  5.4996418019173134E+00 a       308     0    13     1    20
 -1.6260629241447080E+00 a       309     0    13     1    21
  5.9393582551604283E-02 a       310     0    13     1    22
 -2.0101690953651317E+00 a       311     0    13     1    23
  8.6980706692453524E-01 a       312     0    13     1    24
  8.9541801814001365E-01 a       313     0    14     1     1
  6.4624758491378600E+00 a       314     0    14     1     2
  5.6278425129080247E+00 a       315     0    14     1     3
  5.4339241197291266E-01 a       316     0    14     1     4
 -5.2790327999866371E-01 a       317     0    14     1     5
 -8.4958277644890998E+00 a       318     0    14     1     6
  5.7376847523047445E+00 a       319     0    14     1     7
  4.9503212619821069E-01 a       320     0    14     1     8
 -1.5409741031373487E+01 a       321     0    14     1     9
 -2.7296849304420352E+00 a       322     0    14     1    10
 -4.1793639409453576E+00 a       323     0    14     1    11
  9.5509119394777464E+00 a       324     0    14     1    12
  2.6055754087868079E+00 a       325     0    14     1    13
 -1.4742310952796607E+00 a       326     0    14     1    14
 -3.7307708723232835E+00 a       327     0    14     1    15
 -8.4573894217744936E+00 a       328     0    14     1    16
 -3.5106178529082466E+00 a       329     0    14     1    17
 -9.8455749354880009E+00 a       330     0    14     1    18
 -8.7793430640361358E-01 a       331     0    14     1    19
  1.5067159828850826E+01 a       332     0    14     1    20
  9.1448082833277962E+00 a       333     0    14     1    21
  6.0833485981820736E+00 a       334     0    14     1    22
  5.2786481890459358E-01 a       335     0    14     1    23
  1.2981343152844905E+01 a       336     0    14     1    24
  1.6617313651069036E+01 a       337     0    15     1     1
  5.3717162217243066E+00 a       338     0    15     1     2
  5.0977788950282861E+00 a       339     0    15     1     3
  1.6959342128430809E+01 a       340     0    15     1     4
 -1.2953688897978147E+01 a       341     0    15     1     5
  6.9302945155511182E+00 a       342     0    15     1     6
  3.4781072845986763E+01 a       343     0    15     1     7
  2.2876307130681823E+01 a       344     0    15     1     8
  2.8001614709066605E+00 a       345     0    15     1     9
  7.0448292257284635E+00 a       346     0    15     1    10
  4.9240957034428821E+00 a       347     0    15     1    11
  5.6814534201965587E+00 a       348     0    15     1    12
  1.9574138196111953E+01 a       349     0    15     1    13
 -1.7182914573766265E+01 a       350     0    15     1    14
  4.8930558882723254E+00 a       351     0    15     1    15
  6.6311775108589144E-01 a       352     0    15     1    16
  2.1638799236932114E+00 a       353     0    15     1    17
 -7.1170114967327560E+00 a       354     0    15     1    18
  6.9113424256018519E-01 a       355     0    15     1    19
 -5.7115213327954866E+00 a       356     0    15     1    20
  5.5264908000057211E-01 a       357     0    15     1    21
 -9.7164194965011728E+00 a       358     0    15     1    22
 -2.1165531900882254E+01 a       359     0    15     1    23
  2.6043912777136832E+01 a       360     0    15     1    24
 -3.9515043861148063E+00 a       361     0    16     1     1
  1.0686864883068456E+00 a       362     0    16     1     2
  1.1239549042008439E+00 a       363     0    16     1     3
  1.7732536792915145E+01 a       364     0    16     1     4
  2.2492149195109047E+01 a       365     0    16     1     5
 -7.0193896627906094E+00 a       366     0    16     1     6
  1.9588355970450667E+01 a       367     0    16     1     7
  2.8005653999295346E+00 a       368     0    16     1     8
 -1.5678043728553240E+01 a       369     0    16     1     9
  2.2967198781160407E+00 a       370     0    16     1    10
 -1.9048739372602987E+00 a       371     0    16     1    11
  1.3704091133957483E+00 a       372     0    16     1    12
 -1.4293453183204551E+01 a       373     0    16     1    13
  5.4903000813932819E+00 a       374     0    16     1    14
  1.1029106388534366E+01 a       375     0    16     1    15
  1.9003721719526165E+01 a       376     0    16     1    16
 -4.0932401128085054E+00 a       377     0    16     1    17
 -1.0941205353599358E+01 a       378     0    16     1    18
  1.4985498694399872E+01 a       379     0    16     1    19
  1.7876281246222625E+00 a       380     0    16     1    20
  6.9842461830625941E+00 a       381     0    16     1    21
 -6.0937145000195259E-01 a       382     0    16     1    22
  3.4306736668857214E+00 a       383     0    16     1    23
 -1.3944886415481122E+01 a       384     0    16     1    24
 -8.9186531983950587E+01 a       385     0    17     1     1
  1.7526552784365439E+01 a       386     0    17     1     2
  1.5252513227324595E+01 a       387     0    17     1     3
 -4.6108170704343998E+01 a       388     0    17     1     4
 -1.1158447823975035E+01 a       389     0    17     1     5
  1.5972448044954001E+01 a       390     0    17     1     6
 -4.3866789545793779E+01 a       391     0    17     1     7
 -1.7782029243133351E+01 a       392     0    17     1     8
  2.3853688060576829E+01 a       393     0    17     1     9
  1.7521681014122819E+01 a       394     0    17     1    10
  1.9922497397324388E+01 a       395     0    17     1    11
  6.4757958029519633E+00 a       396     0    17     1    12
  3.2621914297803436E+01 a       397     0    17     1    13
  6.1755238556438400E+01 a       398     0    17     1    14
 -1.8510377206543396E+01 a       399     0    17     1    15
 -3.9917407160319961E+01 a       400     0    17     1    16
  4.8325271535743724E+01 a       401     0    17     1    17
 -6.8799525529542336E+01 a       402     0    17     1    18
 -3.2538901772353284E+00 a       403     0    17     1    19
 -1.7316323658663357E+01 a       404     0    17     1    20
  2.3940754265365612E+01 a       405     0    17     1    21
  4.2765942282389261E+01 a       406     0    17     1    22
 -2.7066490158736872E+01 a       407     0    17     1    23
  8.4577187698810743E+00 a       408     0    17     1    24
 -1.7677031880272882E+01 a       409     0    18     1     1
  2.3803979808337758E+01 a       410     0    18     1     2
 -2.3713394001032810E+01 a       411     0    18     1     3
  6.0505167426796307E+00 a       412     0    18     1     4
 -3.4977700626884172E+01 a       413     0    18     1     5
 -7.3507449664244202E+00 a       414     0    18     1     6
 -3.0638555325767918E+01 a       415     0    18     1     7
  1.0107252895234476E+01 a       416     0    18     1     8
  2.7466986926957073E+00 a       417     0    18     1     9
 -2.9807757304014061E+01 a       418     0    18     1    10
 -1.2976839176000992E+01 a       419     0    18     1    11
 -7.4495625336074713E+00 a       420     0    18     1    12
 -7.8173497542138506E+00 a       421     0    18     1    13
 -5.1030968241466268E-01 a       422     0    18     1    14
  1.9835322467224692E+01 a       423     0    18     1    15
  6.6491395152656709E+00 a       424     0    18     1    16
  1.0888707975619210E+01 a       425     0    18     1    17
  3.5755316702400300E+01 a       426     0    18     1    18
  2.6586257999177462E+01 a       427     0    18     1    19
  1.7968260294348013E+00 a       428     0    18     1    20
 -2.1789573186284247E+01 a       429     0    18     1    21
 -6.8105683210636303E-01 a       430     0    18     1    22
  6.8969993364713361E+01 a       431     0    18     1    23
  2.9737757992754847E+00 a       432     0    18     1    24
 -1.0103774690178996E+01 a       433     0    19     1     1
  1.5978580574894499E+00 a       434     0    19     1     2
 -2.0790158689143926E+01 a       435     0    19     1     3
  5.0078730325573098E+00 a       436     0    19     1     4
  2.3889578084961581E+01 a       437     0    19     1     5
 -1.1492823520361183E+01 a       438     0    19     1     6
  6.5309931699927315E+00 a       439     0    19     1     7
 -2.8299164596792039E+00 a       440     0    19     1     8
  2.9435787154131585E+01 a       441     0    19     1     9
  7.0916000737602323E+00 a       442     0    19     1    10
  3.1885169798049469E+00 a       443     0    19     1    11
  3.2789797906896703E+00 a       444     0    19     1    12
 -1.5610061111477542E+01 a       445     0    19     1    13
  2.3475544398612044E+01 a       446     0    19     1    14
 -2.6459071310422136E+01 a       447     0    19     1    15
 -6.6344511747640425E+01 a       448     0    19     1    16
 -2.6607024942281363E+01 a       449     0    19     1    17
  6.0950054720515050E+00 a       450     0    19     1    18
  6.4453556475506146E-01 a       451     0    19     1    19
  5.1876741803266269E+00 a       452     0    19     1    20
  7.7070774210246043E+01 a       453     0    19     1    21
  9.7877558022886968E-01 a       454     0    19     1    22
  2.5964938751011434E+01 a       455     0    19     1    23
 -1.3095779302726578E+01 a       456     0    19     1    24
  4.1534359860267145E+01 a       457     0    20     1     1
 -2.6188414751948798E+01 a       458     0    20     1     2
 -1.8968621242093221E+01 a       459     0    20     1     3
 -3.7838375299715921E+01 a       460     0    20     1     4
  2.5703357327746794E+01 a       461     0    20     1     5
  6.3814199231314078E+01 a       462     0    20     1     6
  5.5322435650296837E+00 a       463     0    20     1     7
  7.8017973680631760E+00 a       464     0    20     1     8
  3.4427963915009563E+01 a       465     0    20     1     9
  1.0058782295567502E+01 a       466     0    20     1    10
  6.7645774334907582E-01 a       467     0    20     1    11
 -2.1849140405921641E+01 a       468     0    20     1    12
 -5.4750761761446995E+01 a       469     0    20     1    13
 -2.1525475239048138E+01 a       470     0    20     1    14
  3.7699377885714014E+01 a       471     0    20     1    15
 -4.0558757647104478E+01 a       472     0    20     1    16
  2.4448702176488464E+01 a       473     0    20     1    17
  4.0037747860020163E+00 a       474     0    20     1    18
  4.4680102012962655E+00 a       475     0    20     1    19
 -3.8985132918676847E+01 a       476     0    20     1    20
  3.3897075814119816E+01 a       477     0    20     1    21
 -4.3180331984697354E+01 a       478     0    20     1    22
 -1.6502384116866146E+01 a       479     0    20     1    23
  1.2818511985910165E+01 a       480     0    20     1    24
  8.9097429569775635E+00 a       481     0    21     1     1
 -8.1152095970434868E+00 a       482     0    21     1     2
 -6.2497190861701748E+00 a       483     0    21     1     3
 -4.1519007752104503E-01 a       484     0    21     1     4
  4.3128796902656754E+00 a       485     0    21     1     5
 -2.7185286096167531E+00 a       486     0    21     1     6
  3.8940314457368639E+00 a       487     0    21     1     7
  9.0202829389778731E+00 a       488     0    21     1     8
 -1.2746839646212573E+01 a       489     0    21     1     9
 -1.3499395225451089E+01 a       490     0    21     1    10
 -3.5663177102156007E+00 a       491     0    21     1    11
 -1.8328281313106665E+00 a       492     0    21     1    12
 -1.3418256518362272E+01 a       493     0    21     1    13
 -1.2643942814644209E+01 a       494     0    21     1    14
  4.9143633063377123E+00 a       495     0    21     1    15
  1.2408980390376870E+01 a       496     0    21     1    16
 -1.1250759992724658E+01 a       497     0    21     1    17
  9.2006915882123597E+00 a       498     0    21     1    18
 -1.6617284246949697E+00 a       499     0    21     1    19
  6.1454898485649752E+00 a       500     0    21     1    20
 -8.3908047807585415E+00 a       501     0    21     1    21
 -7.4860177851256706E+00 a       502     0    21     1    22
  2.9236833704937033E+00 a       503     0    21     1    23
 -1.9159787934962091E-01 a       504     0    21     1    24
 -1.1712283931775327E+00 a       505     0    22     1     1
 -6.6378582087129772E+00 a       506     0    22     1     2
  1.0011620453297057E+01 a       507     0    22     1     3
 -1.4428940155011092E+00 a       508     0    22     1     4
  1.1793022066220468E+01 a       509     0    22     1     5
  4.6150499410280883E+00 a       510     0    22     1     6
 -2.5842375909003752E+00 a       511     0    22     1     7
 -5.6201937738917973E+00 a       512     0    22     1     8
 -6.3820423567029261E+00 a       513     0    22     1     9
  7.4300377635176673E-01 a       514     0    22     1    10
  6.8254094170244750E-01 a       515     0    22     1    11
  5.3903204743796831E+00 a       516     0    22     1    12
  2.4330873688273473E+00 a       517     0    22     1    13
 -2.6871155897816363E+00 a       518     0    22     1    14
 -5.0342006928658085E+00 a       519     0    22     1    15
 -1.0419669002416816E+00 a       520     0    22     1    16
 -2.7912649009257660E+00 a       521     0    22     1    17
 -2.6693486608658370E+00 a       522     0    22     1    18
 -1.2021858391974359E+01 a       523     0    22     1    19
  4.8729446841004034E+00 a       524     0    22     1    20
  2.2374855385048775E+00 a       525     0    22     1    21
 -4.1717456576709102E+00 a       526     0    22     1    22
 -1.1726253182626868E+01 a       527     0    22     1    23
 -6.6518534300456631E+00 a       528     0    22     1    24
  2.3229851558687390E+01 a       529     0    23     1     1
  2.2760284197572215E+01 a       530     0    23     1     2
 -2.0024303426138981E+00 a       531     0    23     1     3
  1.3538139353600046E+01 a       532     0    23     1     4
 -8.7170469518751474E+00 a       533     0    23     1     5
 -1.7925613330526918E+01 a       534     0    23     1     6
 -8.8092856529062118E+00 a       535     0    23     1     7
 -6.2294026034589245E-01 a       536     0    23     1     8
 -1.9720643152044900E+01 a       537     0    23     1     9
  2.3172661423866526E+01 a       538     0    23     1    10
  7.8665418735225279E+00 a       539     0    23     1    11
  1.7979596400462931E+01 a       540     0    23     1    12
 -1.1690719467252507E+01 a       541     0    23     1    13
 -3.0360508585579808E+01 a       542     0    23     1    14
 -3.7058041987174242E+01 a       543     0    23     1    15
 -7.9393687997128826E+00 a       544     0    23     1    16
 -3.0963368744262308E+01 a       545     0    23     1    17
  1.4524867758670817E+01 a       546     0    23     1    18
 -5.9444042815343090E-01 a       547     0    23     1    19
 -8.6502210980676129E+00 a       548     0    23     1    20
  4.4771320238394445E+01 a       549     0    23     1    21
 -2.8228999013427813E+00 a       550     0    23     1    22
  2.1710969567196692E+01 a       551     0    23     1    23
 -7.2838528055858323E+00 a       552     0    23     1    24
  5.2645017115739336E+01 a       553     0    24     1     1
 -2.1590820071236713E+01 a       554     0    24     1     2
 -2.4935963503309978E+01 a       555     0    24     1     3
 -4.7416160709389040E+01 a       556     0    24     1     4
  1.5979766055506939E+01 a       557     0    24     1     5
  2.8899875753891465E+01 a       558     0    24     1     6
 -8.5048140284277611E+00 a       559     0    24     1     7
 -1.4282204501622228E+01 a       560     0    24     1     8
  2.4131863866262670E+01 a       561     0    24     1     9
  3.1010700635725200E+01 a       562     0    24     1    10
  5.0544841788409528E+01 a       563     0    24     1    11
  2.2791436612109108E+00 a       564     0    24     1    12
 -2.6356787230134998E+01 a       565     0    24     1    13
 -2.3511973520675895E+01 a       566     0    24     1    14
 -4.1014674773937237E+01 a       567     0    24     1    15
 -2.3911557307624946E+01 a       568     0    24     1    16
 -3.8984324613631354E+00 a       569     0    24     1    17
 -1.5242168102981145E+01 a       570     0    24     1    18
 -4.7000759531536453E+01 a       571     0    24     1    19
  1.7184766952303308E+00 a       572     0    24     1    20
  7.6508421619628511E+00 a       573     0    24     1    21
  8.6254018704426176E+00 a       574     0    24     1    22
 -4.2902260343597192E+01 a       575     0    24     1    23
 -4.7486990607957891E+00 a       576     0    24     1    24
  1.6032717411884558E+01 a       577     0    25     1     1
  2.2631972172799150E-02 a       578     0    25     1     2
  1.5316179379922739E+01 a       579     0    25     1     3
  2.2854384790092329E+01 a       580     0    25     1     4
 -6.4567912800988818E+00 a       581     0    25     1     5
  1.0019528297539662E+01 a       582     0    25     1     6
  1.6917243839854414E+01 a       583     0    25     1     7
 -9.8839951738237630E+00 a       584     0    25     1     8
  1.9909846702237502E+01 a       585     0    25     1     9
  1.6640599054667504E+01 a       586     0    25     1    10
 -4.4382640862569120E+00 a       587     0    25     1    11
 -1.3648854740166957E+01 a       588     0    25     1    12
  2.9156535617982563E+01 a       589     0    25     1    13
  6.4619905522156074E-02 a       590     0    25     1    14
  1.4564334982800450E+01 a       591     0    25     1    15
  5.9773699383364365E+00 a       592     0    25     1    16
  2.0206548620832866E+01 a       593     0    25     1    17
  1.8202004173165516E+00 a       594     0    25     1    18
  1.0614431186438958E+01 a       595     0    25     1    19
  1.1237719211121182E+00 a       596     0    25     1    20
 -1.7367054186268106E+01 a       597     0    25     1    21
 -2.0062277207841257E+00 a       598     0    25     1    22
 -6.3981847371616798E+00 a       599     0    25     1    23
 -5.0639176335576828E+00 a       600     0    25     1    24
 -1.4184729898343219E+01 a       601     0    26     1     1
  1.5920043257211088E+01 a       602     0    26     1     2
 -7.7475738829914251E-02 a       603     0    26     1     3
  3.4019419240451036E+01 a       604     0    26     1     4
 -1.8315182826815018E+01 a       605     0    26     1     5
 -2.8387420902062388E+01 a       606     0    26     1     6
  3.7163868418182048E+01 a       607     0    26     1     7
  1.2470125769201825E+01 a       608     0    26     1     8
 -4.7132651454465213E+00 a       609     0    26     1     9
 -1.6596855321413242E+00 a       610     0    26     1    10
 -8.2540073137581604E+00 a       611     0    26     1    11
 -1.6310703089870404E+00 a       612     0    26     1    12
  2.4071039389022143E+01 a       613     0    26     1    13
  1.6072253797874502E+01 a       614     0    26     1    14
  8.0924576152047010E+00 a       615     0    26     1    15
  1.7811811355333912E+01 a       616     0    26     1    16
 -2.9499416739872308E+00 a       617     0    26     1    17
 -1.5473331598338394E+01 a       618     0    26     1    18
  3.2210755506171360E+01 a       619     0    26     1    19
  5.0190534182907021E+00 a       620     0    26     1    20
  3.7246381892500384E+00 a       621     0    26     1    21
  1.7471291491839658E+01 a       622     0    26     1    22
  1.4270350710896437E+01 a       623     0    26     1    23
  1.0408840318558317E+01 a       624     0    26     1    24
 -3.4561212719857892E+01 a       625     0    27     1     1
 -1.9786161599163652E+01 a       626     0    27     1     2
  5.3625151667456574E+00 a       627     0    27     1     3
 -1.9776193791867318E+01 a       628     0    27     1     4
  2.2160502593578070E+01 a       629     0    27     1     5
 -1.3246375847556894E+01 a       630     0    27     1     6
 -5.8315805048508516E+01 a       631     0    27     1     7
 -4.3517373699671275E+01 a       632     0    27     1     8
 -2.2205995580344723E+01 a       633     0    27     1     9
 -2.6278686668556954E+01 a       634     0    27     1    10
 -1.3986840152263406E+01 a       635     0    27     1    11
 -1.4218007272314468E+00 a       636     0    27     1    12
 -2.1971934554620539E+01 a       637     0    27     1    13
  1.4092195672142797E+01 a       638     0    27     1    14
  1.8534456444795149E+00 a       639     0    27     1    15
  1.1540059440508006E+01 a       640     0    27     1    16
  1.3334008798816563E+00 a       641     0    27     1    17
  2.0403159603631750E+01 a       642     0    27     1    18
  1.1247192588447486E+01 a       643     0    27     1    19
  1.5163207935551897E+01 a       644     0    27     1    20
 -1.4605024421464494E+01 a       645     0    27     1    21
  1.2411811564109335E+01 a       646     0    27     1    22
  2.5584052311775171E+01 a       647     0    27     1    23
 -4.3757553433263958E+01 a       648     0    27     1    24
  1.8909496435856807E+00 a       649     0    28     1     1
  2.2314759117851704E+01 a       650     0    28     1     2
  6.2615756146452464E+00 a       651     0    28     1     3
 -1.4698070825649012E+01 a       652     0    28     1     4
 -4.6850829911383997E+01 a       653     0    28     1     5
 -2.5181117813500258E+01 a       654     0    28     1     6
 -2.3481190047837554E+01 a       655     0    28     1     7
  1.0472180174349306E+01 a       656     0    28     1     8
 -4.5174773789219094E+00 a       657     0    28     1     9
 -2.2507043628537868E+01 a       658     0    28     1    10
 -9.4960097655178686E+00 a       659     0    28     1    11
  2.1321401692751422E+01 a       660     0    28     1    12
  3.5686620226661390E+01 a       661     0    28     1    13
 -2.3918845698913898E+00 a       662     0    28     1    14
 -3.0610322067542938E+01 a       663     0    28     1    15
 -5.5312699838019945E+01 a       664     0    28     1    16
 -2.4931137270417882E+00 a       665     0    28     1    17
 -1.8417597273661528E+00 a       666     0    28     1    18
 -3.3235491074048497E+01 a       667     0    28     1    19
  3.4856974726641127E+01 a       668     0    28     1    20
  1.1737920331201779E+00 a       669     0    28     1    21
  2.4861291361836102E+01 a       670     0    28     1    22
 -1.8333095416880195E+01 a       671     0    28     1    23
  5.1529896411723207E+01 a       672     0    28     1    24
  2.0512581194185010E+01 a       673     0    29     1     1
 -4.9366767033968983E+00 a       674     0    29     1     2
 -5.2812935859617429E+00 a       675     0    29     1     3
  6.0146850668458871E+00 a       676     0    29     1     4
 -1.9225906411563109E+01 a       677     0    29     1     5
 -4.5978218526058585E+00 a       678     0    29     1     6
  2.7442026254839945E+01 a       679     0    29     1     7
  2.9347547925531448E+01 a       680     0    29     1     8
  4.2370896085819991E+00 a       681     0    29     1     9
 -1.6473706786239475E+01 a       682     0    29     1    10
 -3.6757749254584335E+00 a       683     0    29     1    11
  8.2627366610110631E+00 a       684     0    29     1    12
  6.8244159267340168E+00 a       685     0    29     1    13
 -1.1891457288048414E+01 a       686     0    29     1    14
  2.1687014766268963E+01 a       687     0    29     1    15
  1.7853969591043054E+01 a       688     0    29     1    16
  3.6120073037383706E+00 a       689     0    29     1    17
  3.6144587220266393E+00 a       690     0    29     1    18
 -1.3265121993097512E+01 a       691     0    29     1    19
 -9.9792553947766809E+00 a       692     0    29     1    20
 -2.7803181780225678E+01 a       693     0    29     1    21
 -3.0437045336423004E+01 a       694     0    29     1    22
 -4.1296002071811465E+01 a       695     0    29     1    23
  2.5092430971071074E+01 a       696     0    29     1    24
 -2.2578737102158822E+01 a       697     0    30     1     1
  9.9615003100548649E-01 a       698     0    30     1     2
  1.2367536470825344E+01 a       699     0    30     1     3
  3.3188907623150570E+01 a       700     0    30     1     4
  2.3866854366552236E+01 a       701     0    30     1     5
 -1.4156392065217487E+01 a       702     0    30     1     6
  1.6857989116086436E+01 a       703     0    30     1     7
 -4.6797435380156953E+00 a       704     0    30     1     8
 -3.5332691982721989E+00 a       705     0    30     1     9
 -5.5370658328088336E+00 a       706     0    30     1    10
 -1.8576480713232218E+01 a       707     0    30     1    11
 -1.9498772512077814E+01 a       708     0    30     1    12
  1.3102466931197224E+01 a       709     0    30     1    13
  1.3467769308453487E+01 a       710     0    30     1    14
  2.5976869534685424E+01 a       711     0    30     1    15
  2.8274356659474218E+01 a       712     0    30     1    16
 -8.0819842806443063E+00 a       713     0    30     1    17
  2.5763728662661194E+01 a       714     0    30     1    18
  1.9129071588867571E+01 a       715     0    30     1    19
 -5.8693529747606972E+00 a       716     0    30     1    20
 -1.0604831663352980E+01 a       717     0    30     1    21
 -1.1859580547969856E+01 a       718     0    30     1    22
  1.2495854789702868E+01 a       719     0    30     1    23
 -4.2499653075332539E+01 a       720     0    30     1    24
  3.1756128714643403E+00 a       721     0    31     1     1
 -1.5210589626522208E+00 a       722     0    31     1     2
  6.4532295178591461E+00 a       723     0    31     1     3
 -9.2529934511754295E+00 a       724     0    31     1     4
 -1.4087297533675287E-02 a       725     0    31     1     5
  1.0738835288001294E+01 a       726     0    31     1     6
 -6.9196660715702463E-01 a       727     0    31     1     7
 -1.0703227665382808E+01 a       728     0    31     1     8
  5.8042590826881773E+00 a       729     0    31     1     9
 -4.4470155193041832E+00 a       730     0    31     1    10
  5.7199429286210099E+00 a       731     0    31     1    11
 -5.2995207638668740E+00 a       732     0    31     1    12
  5.8094777175566366E+00 a       733     0    31     1    13
 -3.4030363065162900E-01 a       734     0    31     1    14
  3.7555880330559011E-01 a       735     0    31     1    15
 -3.6068418775095740E-01 a       736     0    31     1    16
  2.8243681446433908E+00 a       737     0    31     1    17
  3.7300825266906865E+00 a       738     0    31     1    18
  4.0315225467698843E+00 a       739     0    31     1    19
 -2.0472896135249221E+00 a       740     0    31     1    20
 -6.4847846918345231E-01 a       741     0    31     1    21
 -1.0509459540365389E+00 a       742     0    31     1    22
  3.6016466452563101E-01 a       743     0    31     1    23
 -4.0932482562754267E+00 a       744     0    31     1    24
  1.1120675957378745E+00 a       745     0    32     1     1
 -8.2088896727776051E-01 a       746     0    32     1     2
  9.7302031699255487E-01 a       747     0    32     1     3
 -4.8659350933109674E-01 a       748     0    32     1     4
 -2.4711609608660987E-01 a       749     0    32     1     5
 -5.9536973486754785E-01 a       750     0    32     1     6
 -8.1463219209683146E-01 a       751     0    32     1     7
  8.7170001718502454E-01 a       752     0    32     1     8
  8.5621572845478289E-01 a       753     0    32     1     9
 -3.7407932065298716E-02 a       754     0    32     1    10
 -5.2295355420748935E-01 a       755     0    32     1    11
  4.2043677429627674E-01 a       756     0    32     1    12
 -3.3269515630371102E-02 a       757     0    32     1    13
  1.1945906120497556E+00 a       758     0    32     1    14
 -6.3621892403885216E-01 a       759     0    32     1    15
  1.1368175247976497E-01 a       760     0    32     1    16
  5.7343040549299162E-01 a       761     0    32     1    17
  1.1482764367221967E+00 a       762     0    32     1    18
 -4.9744891599313351E-01 a       763     0    32     1    19
  8.8875361585911561E-01 a       764     0    32     1    20
  6.8856509084869599E-01 a       765     0    32     1    21
 -1.4427196472674239E-01 a       766     0    32     1    22
 -1.7553974392383934E-01 a       767     0    32     1    23
  1.7998746286903289E-02 a       768     0    32     1    24
  1.6286787104946851E-01 b       769     1     1
 -1.2658387349760444E-01 b       770     1     2
 -1.1639865347360674E-02 b       771     1     3
  9.8557973521107359E-02 b       772     1     4
 -1.1574368928650926E-03 b       773     1     5
 -9.8147781265746248E-02 b       774     1     6
  4.1193962538311923E-02 b       775     1     7
  4.4769673294495077E-03 b       776     1     8
  4.1101387534935065E-02 b       777     1     9
 -1.8839191153566134E-01 b       778     1    10
  1.3728545585973435E-03 b       779     1    11
  1.4382975878111048E-01 b       780     1    12
 -2.6764483838274903E-02 b       781     1    13
  1.3391219481908281E-01 b       782     1    14
 -1.7423422179947686E-02 b       783     1    15
  4.4812949975541146E-02 b       784     1    16
  1.1339422786390572E-01 b       785     1    17
  3.9615360102954397E-02 b       786     1    18
  1.2363579481428301E-01 b       787     1    19
 -2.7883603191721142E-02 b       788     1    20
 -1.5227562678082640E-01 b       789     1    21
 -1.0509974195275272E-02 b       790     1    22
  4.2026509258435291E-02 b       791     1    23
 -2.5369709863044537E-01 b       792     1    24
 -4.0537688525604576E-01 a       793     1     1     2     1
  2.1170874115433808E-01 a       794     1     1     2     2
 -1.3237299759954440E+00 a       795     1     1     2     3
 -8.1122179356984569E-02 a       796     1     1     2     4
 -3.7807113466140374E-01 a       797     1     1     2     5
 -2.2092608473488493E+00 a       798     1     1     2     6
 -1.5185326677471653E+00 a       799     1     1     2     7
 -7.5051286460698230E-01 a       800     1     1     2     8
 -2.4192650939765142E-01 a       801     1     1     2     9
 -1.1488612239986111E+00 a       802     1     1     2    10
 -1.2553374815660217E+00 a       803     1     1     2    11
  3.6572713769352638E-01 a       804     1     1     2    12
  1.4376984243293484E-01 a       805     1     1     2    13
 -1.5586333541319219E+00 a       806     1     1     2    14
 -1.8557983381852454E+00 a       807     1     1     2    15
 -1.4121910165297451E+00 a       808     1     1     2    16
 -1.3202906983627658E+00 a       809     1     1     2    17
 -1.4955777082283614E+00 a       810     1     1     2    18
 -2.1319130181832997E+00 a       811     1     1     2    19
 -1.2765241386813906E+00 a       812     1     1     2    20
 -1.3380476039145823E+00 a       813     1     1     2    21
  2.1757551653391531E+00 a       814     1     1     2    22
 -3.5747954071248034E-01 a       815     1     1     2    23
 -1.3492559413816385E+00 a       816     1     1     2    24
 -7.1581118135819854E-01 a       817     1     2     2     1
 -8.0419284350900433E-01 a       818     1     2     2     2
  2.7514560050370922E+00 a       819     1     2     2     3
 -1.7537380067414341E+00 a       820     1     2     2     4
 -1.5189175926005174E+00 a       821     1     2     2     5
  6.6073490598365381E-01 a       822     1     2     2     6
  6.5754507897352887E-01 a       823     1     2     2     7
 -7.8369710545757509E-01 a       824     1     2     2     8
 -9.2536188040564460E-01 a       825     1     2     2     9
 -1.0173423609345029E+00 a       826     1     2     2    10
  2.8403151106666424E+00 a       827     1     2     2    11
 -4.9412497716034522E+00 a       828     1     2     2    12
  1.5926338873210490E+00 a       829     1     2     2    13
 -1.1102857846153182E+00 a       830     1     2     2    14
 -2.8669331633086625E-01 a       831     1     2     2    15
 -4.9633672185893429E-01 a       832     1     2     2    16
 -5.5278053800736215E-01 a       833     1     2     2    17
 -4.3406662900769905E-01 a       834     1     2     2    18
 -1.4202309299798346E-01 a       835     1     2     2    19
 -1.5882670989200152E+00 a       836     1     2     2    20
 -1.1478888474500297E+00 a       837     1     2     2    21
 -3.1476718542775939E+00 a       838     1     2     2    22
 -1.1920341837698667E+00 a       839     1     2     2    23
  1.9740093448216933E+00 a       840     1     2     2    24
 -1.0057532451519896E-01 a       841     1     3     2     1
  6.4040797944990713E-01 a       842     1     3     2     2
 -4.1325026480935551E-01 a       843     1     3     2     3
 -3.8287826541823966E-01 a       844     1     3     2     4
 -6.0377468036509629E-01 a       845     1     3     2     5
  1.0922499211380315E-01 a       846     1     3     2     6
  5.3071064174608562E-01 a       847     1     3     2     7
 -4.8062372881900234E-01 a       848     1     3     2     8
  7.4418450827109439E-01 a       849     1     3     2     9
  4.3336697307571131E-01 a       850     1     3     2    10
  1.2115130334584538E+00 a       851     1     3     2    11
 -9.7406087208894476E-01 a       852     1     3     2    12
  7.9722948893614554E-01 a       853     1     3     2    13
  5.9900356355581419E-01 a       854     1     3     2    14
  1.2752291027236002E+00 a       855     1     3     2    15
 -1.0367351014857022E-01 a       856     1     3     2    16
  1.1553873615060168E+00 a       857     1     3     2    17
  8.8697699915189909E-01 a       858     1     3     2    18
  4.7091699087039535E-01 a       859     1     3     2    19
  1.0010400993532420E+00 a       860     1     3     2    20
  7.3006511788603756E-01 a       861     1     3     2    21
 -4.9932207553346486E-01 a       862     1     3     2    22
  1.8119155695322306E-01 a       863     1     3     2    23
  1.0321899640781014E+00 a       864     1     3     2    24
  1.0671981920710365E+00 a       865     1     4     2     1
  1.2751935684751730E+00 a       866     1     4     2     2
 -2.9171772876658832E+00 a       867     1     4     2     3
 -9.1786075496016473E-01 a       868     1     4     2     4
  1.4605917022303236E-01 a       869     1     4     2     5
 -1.2858528096510309E+00 a       870     1     4     2     6
 -8.7678031586954719E-01 a       871     1     4     2     7
 -6.9940620911318596E-01 a       872     1     4     2     8
 -5.9931281428055892E-02 a       873     1     4     2     9
  1.0021083356520357E+00 a       874     1     4     2    10
  5.8629504289845213E-01 a       875     1     4     2    11
  3.1077592097706302E-01 a       876     1     4     2    12
  8.9228840097682505E-01 a       877     1     4     2    13
 -2.6023399466684705E-01 a       878     1     4     2    14
  6.9540121668145230E-02 a       879     1     4     2    15
 -1.5328658776286361E+00 a       880     1     4     2    16
  8.3383294973608257E-01 a       881     1     4     2    17
  8.6093779922300695E-01 a       882     1     4     2    18
  1.6188720014739624E+00 a       883     1     4     2    19
  2.5727745622716353E-01 a       884     1     4     2    20
  2.3927747498106533E+00 a       885     1     4     2    21
 -1.5914549271934202E+00 a       886     1     4     2    22
  2.0490558550537417E+00 a       887     1     4     2    23
  2.4339257169916713E+00 a       888     1     4     2    24
  1.7868666502630054E-01 a       889     1     5     2     1
 -2.5966240475977542E-01 a       890     1     5     2     2
  4.8154893555583383E-01 a       891     1     5     2     3
  1.4750168552873697E+00 a       892     1     5     2     4
  5.1310373423306066E-01 a       893     1     5     2     5
  3.2949579670415902E-01 a       894     1     5     2     6
  9.3753214458507295E-01 a       895     1     5     2     7
  1.1663082992802225E+00 a       896     1     5     2     8
 -2.4658246848906384E-01 a       897     1     5     2     9
  9.5627152642848101E-02 a       898     1     5     2    10
 -1.3927522438346263E+00 a       899     1     5     2    11
 -3.9062699305740574E+00 a       900     1     5     2    12
 -2.1383942369415840E+00 a       901     1     5     2    13
 -2.5857098319064814E-01 a       902     1     5     2    14
  2.1213728818820207E-01 a       903     1     5     2    15
  1.6153092946277017E+00 a       904     1     5     2    16
  1.9801444701648447E+00 a       905     1     5     2    17
  1.3934501401311958E+00 a       906     1     5     2    18
  3.2614423232687390E-01 a       907     1     5     2    19
 -1.7510490776747464E-01 a       908     1     5     2    20
 -3.0822350247651928E+00 a       909     1     5     2    21
 -1.4547596427858298E+00 a       910     1     5     2    22
 -3.0682110000451884E-01 a       911     1     5     2    23
 -2.3698109296519072E+00 a       912     1     5     2    24
 -5.6133795016113786E-01 a       913     1     6     2     1
  2.8919692799705277E-01 a       914     1     6     2     2
 -9.2162732530485603E-01 a       915     1     6     2     3
  2.2895440937078790E-01 a       916     1     6     2     4
  2.7192059753385933E-01 a       917     1     6     2     5
 -9.1474450295228826E-01 a       918     1     6     2     6
  3.5595452472576783E-01 a       919     1     6     2     7
 -1.6444997288811641E-01 a       920     1     6     2     8
 -8.6287379818993926E-02 a       921     1     6     2     9
  4.8539381226711042E-01 a       922     1     6     2    10
  9.4838556644444449E-01 a       923     1     6     2    11
 -3.1292079093696179E+00 a       924     1     6     2    12
 -1.0081395902899699E-01 a       925     1     6     2    13
 -4.1775007697119132E-01 a       926     1     6     2    14
 -1.1689778967258082E+00 a       927     1     6     2    15
  8.5302844778830789E-01 a       928     1     6     2    16
 -3.6725588902718181E-02 a       929     1     6     2    17
 -1.5651620867870146E+00 a       930     1     6     2    18
 -9.8045576171578475E-01 a       931     1     6     2    19
 -1.6659528486439998E-01 a       932     1     6     2    20
  2.9226865486296566E-01 a       933     1     6     2    21
  3.4721631250629253E-01 a       934     1     6     2    22
 -1.7301748386786620E-01 a       935     1     6     2    23
 -6.6026734444361956E-01 a       936     1     6     2    24
 -7.5983360410386547E-01 a       937     1     7     2     1
 -5.8451979952726996E-02 a       938     1     7     2     2
 -1.7970537653958032E+00 a       939     1     7     2     3
 -8.7652981118357531E-01 a       940     1     7     2     4
 -2.2323117667443665E-01 a       941     1     7     2     5
 -7.5760429143191665E-01 a       942     1     7     2     6
 -4.0241908381745067E-01 a       943     1     7     2     7
 -1.5798009296172359E+00 a       944     1     7     2     8
 -6.6103591042484400E-01 a       945     1     7     2     9
  3.8119681239120719E-02 a       946     1     7     2    10
 -2.9477830253941040E+00 a       947     1     7     2    11
 -8.2376966477026659E-01 a       948     1     7     2    12
 -1.0215404105788164E+00 a       949     1     7     2    13
 -5.3329192852515250E-01 a       950     1     7     2    14
 -1.0526281126951578E+00 a       951     1     7     2    15
  2.3426523059176965E-01 a       952     1     7     2    16
 -1.1138867937890433E+00 a       953     1     7     2    17
 -5.7835566054118659E-01 a       954     1     7     2    18
 -1.9402832162664396E+00 a       955     1     7     2    19
 -1.5589410111173043E-02 a       956     1     7     2    20
 -6.7326482866965909E-01 a       957     1     7     2    21
 -1.0472272925675449E-01 a       958     1     7     2    22
  3.6471938096355606E-02 a       959     1     7     2    23
 -1.9271171022276631E-01 a       960     1     7     2    24
 -8.9503669337998104E-01 a       961     1     8     2     1
  1.7216745848894677E-01 a       962     1     8     2     2
 -2.1548294083451198E+00 a       963     1     8     2     3
 -7.0362312364122959E-01 a       964     1     8     2     4
  5.3834591275708266E-01 a       965     1     8     2     5
  2.3811331094421492E-01 a       966     1     8     2     6
 -2.7213635814589948E-01 a       967     1     8     2     7
 -5.5544817825087889E-01 a       968     1     8     2     8
 -2.5803902224808600E-01 a       969     1     8     2     9
  3.0325196684974698E-01 a       970     1     8     2    10
  1.3858257694148273E+00 a       971     1     8     2    11
  6.8626748807344462E-01 a       972     1     8     2    12
 -1.0159009789658149E+00 a       973     1     8     2    13
 -9.5100381772371301E-01 a       974     1     8     2    14
 -8.0371596721341954E-01 a       975     1     8     2    15
  1.2047201562649804E-01 a       976     1     8     2    16
 -2.1021509925138391E+00 a       977     1     8     2    17
  3.3732328321188892E-01 a       978     1     8     2    18
 -2.9880045192428034E-01 a       979     1     8     2    19
 -1.0786345421783996E+00 a       980     1     8     2    20
 -1.5715407032905504E+00 a       981     1     8     2    21
 -3.3699645408681123E-01 a       982     1     8     2    22
 -1.1383151944150434E+00 a       983     1     8     2    23
 -1.3639653929124243E-01 a       984     1     8     2    24
  2.1377095191007650E-01 a       985     1     9     2     1
  2.5777571144909345E-01 a       986     1     9     2     2
  8.1722881916643098E-01 a       987     1     9     2     3
  6.2827601495233354E-01 a       988     1     9     2     4
 -1.2468249152727948E+00 a       989     1     9     2     5
  2.2087927393813085E+00 a       990     1     9     2     6
  1.6467588562991486E+00 a       991     1     9     2     7
  1.0587696760981986E+00 a       992     1     9     2     8
  1.8071864665197999E+00 a       993     1     9     2     9
 -8.4189076244605565E-01 a       994     1     9     2    10
  2.3042894162143521E-01 a       995     1     9     2    11
 -3.3948380592766401E+00 a       996     1     9     2    12
  3.9244824467434998E-02 a       997     1     9     2    13
  2.7082813446654042E+00 a       998     1     9     2    14
  3.6594997827330147E+00 a       999     1     9     2    15
  2.0442086115615661E+00 a      1000     1     9     2    16
  5.5445501165761724E-01 a      1001     1     9     2    17
 -7.5543783874311587E-01 a      1002     1     9     2    18
  2.0046620234778385E+00 a      1003     1     9     2    19
  2.6336101538314223E+00 a      1004     1     9     2    20
 -2.4991454497642271E-01 a      1005     1     9     2    21
 -1.7684296617019224E+00 a      1006     1     9     2    22
  2.9944440603230982E+00 a      1007     1     9     2    23
 -1.6903785708223020E+00 a      1008     1     9     2    24
 -1.7086765656169398E-01 a      1009     1    10     2     1
  1.4720812407646662E+00 a      1010     1    10     2     2
 -6.5732300574713087E-01 a      1011     1    10     2     3
  1.6286465732434832E+00 a      1012     1    10     2     4
  4.2611774981609262E-03 a      1013     1    10     2     5
 -1.4254418753956408E+00 a      1014     1    10     2     6
  7.6295638084596296E-01 a      1015     1    10     2     7
 -1.5732257606643615E-01 a      1016     1    10     2     8
  1.5269205141552442E+00 a      1017     1    10     2     9
  6.4160932725318853E-01 a      1018     1    10     2    10
  1.7742140769393033E+00 a      1019     1    10     2    11
  4.7548143567164257E-04 a      1020     1    10     2    12
  4.4607770023626253E-01 a      1021     1    10     2    13
  2.4219596969597421E+00 a      1022     1    10     2    14
  1.7106890931337242E+00 a      1023     1    10     2    15
  1.4569152758665807E+00 a      1024     1    10     2    16
 -1.6446171636802518E+00 a      1025     1    10     2    17
  8.1770530222149918E-01 a      1026     1    10     2    18
  1.8953704202688808E+00 a      1027     1    10     2    19
 -2.0859162638099041E-01 a      1028     1    10     2    20
  3.2303166471644853E+00 a      1029     1    10     2    21
  4.0650465619513048E+00 a      1030     1    10     2    22
 -9.5088291916028400E-01 a      1031     1    10     2    23
 -1.4107416599356142E+00 a      1032     1    10     2    24
 -3.5224247232021272E-01 a      1033     1    11     2     1
  5.5509289671345241E-01 a      1034     1    11     2     2
 -7.2532691785023851E-01 a      1035     1    11     2     3
 -4.1327753387721677E-01 a      1036     1    11     2     4
 -1.8229891150941928E+00 a      1037     1    11     2     5
 -3.1301666559861121E+00 a      1038     1    11     2     6
 -1.5745920796392843E-01 a      1039     1    11     2     7
  6.6583204192082190E-01 a      1040     1    11     2     8
  1.0698257794799140E+00 a      1041     1    11     2     9
 -2.1927344728151934E+00 a      1042     1    11     2    10
 -2.3653474176826577E+00 a      1043     1    11     2    11
  1.0013782074721760E+00 a      1044     1    11     2    12
  2.4086100398751658E+00 a      1045     1    11     2    13
  8.5229529322623829E-02 a      1046     1    11     2    14
  1.1695488378453958E+00 a      1047     1    11     2    15
 -3.0644428697508244E+00 a      1048     1    11     2    16
 -1.3626113251752248E+00 a      1049     1    11     2    17
 -1.8360266970956736E+00 a      1050     1    11     2    18
 -1.8325820533660437E+00 a      1051     1    11     2    19
 -3.0135624835735925E-01 a      1052     1    11     2    20
  8.7725728712797058E-01 a      1053     1    11     2    21
  1.4303378990128799E+00 a      1054     1    11     2    22
 -6.6285254303041627E-03 a      1055     1    11     2    23
  9.3925177798046215E-03 a      1056     1    11     2    24
 -7.1325935166235765E-01 a      1057     1    12     2     1
  7.3724279050291674E-01 a      1058     1    12     2     2
  2.9077415504448636E+00 a      1059     1    12     2     3
  6.9974212581646059E-02 a      1060     1    12     2     4
 -2.5798050068952977E-01 a      1061     1    12     2     5
  5.9922482438323954E-01 a      1062     1    12     2     6
 -6.2311535443033272E-01 a      1063     1    12     2     7
  6.4066594401005561E-01 a      1064     1    12     2     8
  3.1910018636641996E-01 a      1065     1    12     2     9
  3.0330245002804396E-01 a      1066     1    12     2    10
  2.3622667627180705E+00 a      1067     1    12     2    11
  1.5812042799889243E+00 a      1068     1    12     2    12
  7.0450873350978549E-01 a      1069     1    12     2    13
  6.0711290717997313E-01 a      1070     1    12     2    14
  1.6750898537462791E+00 a      1071     1    12     2    15
  8.8017880703040940E-01 a      1072     1    12     2    16
  2.2584601466522787E+00 a      1073     1    12     2    17
  6.2915628704321908E-02 a      1074     1    12     2    18
  1.1854889529750692E-01 a      1075     1    12     2    19
  8.3428378303028217E-01 a      1076     1    12     2    20
  1.4042656132397016E+00 a      1077     1    12     2    21
 -1.1476914508617817E+00 a      1078     1    12     2    22
 -5.4469156746233904E-01 a      1079     1    12     2    23
  1.4100261072146543E+00 a      1080     1    12     2    24
  1.2198215180826305E-02 a      1081     1    13     2     1
 -9.6269857570691053E-01 a      1082     1    13     2     2
  3.3327248523550312E+00 a      1083     1    13     2     3
  8.4735015287207993E-01 a      1084     1    13     2     4
  4.1233393441246918E-01 a      1085     1    13     2     5
 -6.4620209721423638E-01 a      1086     1    13     2     6
 -2.8807880520540569E-01 a      1087     1    13     2     7
  1.4470436029509552E+00 a      1088     1    13     2     8
 -1.5902166690011039E+00 a      1089     1    13     2     9
 -2.1468831682474887E-01 a      1090     1    13     2    10
 -1.1685052653317392E+00 a      1091     1    13     2    11
  5.3646587405625121E+00 a      1092     1    13     2    12
  9.7127621088946306E-02 a      1093     1    13     2    13
 -1.8799831706796177E-02 a      1094     1    13     2    14
 -2.1187296685242294E+00 a      1095     1    13     2    15
 -1.6129181048921892E+00 a      1096     1    13     2    16
 -1.9211791622364693E+00 a      1097     1    13     2    17
  2.0413033076140561E+00 a      1098     1    13     2    18
 -2.8229209391785255E+00 a      1099     1    13     2    19
 -2.8002985929265273E-01 a      1100     1    13     2    20
  7.7353733683670364E-02 a      1101     1    13     2    21
 -2.3804036926833354E+00 a      1102     1    13     2    22
 -1.2265341370608387E+00 a      1103     1    13     2    23
  1.4980040067124156E-01 a      1104     1    13     2    24
 -5.0374268247315956E-01 a      1105     1    14     2     1
 -1.0301713840708244E+00 a      1106     1    14     2     2
  1.1779231001009747E+00 a      1107     1    14     2     3
  7.4472897511191105E-01 a      1108     1    14     2     4
  7.7791042560888424E-01 a      1109     1    14     2     5
 -1.9861622740716045E+00 a      1110     1    14     2     6
  1.5196230244681315E+00 a      1111     1    14     2     7
  3.0017275663571547E-01 a      1112     1    14     2     8
 -1.2988905841358924E+00 a      1113     1    14     2     9
  1.3247197544545739E+00 a      1114     1    14     2    10
 -5.5797354257683540E-01 a      1115     1    14     2    11
 -1.4625169218125569E+00 a      1116     1    14     2    12
  7.9122992295479699E-01 a      1117     1    14     2    13
  1.2864767602855376E+00 a      1118     1    14     2    14
 -1.3592959785246703E+00 a      1119     1    14     2    15
 -1.4694267894835777E+00 a      1120     1    14     2    16
 -2.7549694078263784E+00 a      1121     1    14     2    17
  1.5494509414653770E+00 a      1122     1    14     2    18
 -1.3878387736707367E+00 a      1123     1    14     2    19
 -1.6112494608394961E+00 a      1124     1    14     2    20
  2.2129483823930691E+00 a      1125     1    14     2    21
  1.1503612613160739E+00 a      1126     1    14     2    22
  5.4630125956272790E-01 a      1127     1    14     2    23
 -1.3779529547657248E+00 a      1128     1    14     2    24
 -3.3581466701485596E-01 a      1129     1    15     2     1
  3.6283825329607700E-01 a      1130     1    15     2     2
  1.3401693464688023E+00 a      1131     1    15     2     3
  3.1215281923722826E-01 a      1132     1    15     2     4
  1.0156339563738587E-01 a      1133     1    15     2     5
  3.0644635650853513E+00 a      1134     1    15     2     6
 -2.0048790289922445E+00 a      1135     1    15     2     7
  1.0507595595252086E+00 a      1136     1    15     2     8
  1.1720089269408500E+00 a      1137     1    15     2     9
 -1.4347625344388462E+00 a      1138     1    15     2    10
 -3.8823847913519827E+00 a      1139     1    15     2    11
  1.6243765337388412E+00 a      1140     1    15     2    12
 -1.1105780160871137E+00 a      1141     1    15     2    13
 -2.0356266121714834E+00 a      1142     1    15     2    14
 -2.4972576620399525E+00 a      1143     1    15     2    15
 -1.8287586929155224E+00 a      1144     1    15     2    16
 -1.1619538895221435E+00 a      1145     1    15     2    17
 -2.2791708290354746E+00 a      1146     1    15     2    18
 -9.2059116695323717E-01 a      1147     1    15     2    19
 -3.1784721855960735E-01 a      1148     1    15     2    20
  5.0359072586026354E-01 a      1149     1    15     2    21
 -4.1278777582828914E+00 a      1150     1    15     2    22
 -6.5096056154273985E-01 a      1151     1    15     2    23
  2.8726948192171620E-01 a      1152     1    15     2    24
  8.4755505085372318E-01 a      1153     1    16     2     1
  1.4546094574782539E-01 a      1154     1    16     2     2
  2.3487041803909152E+00 a      1155     1    16     2     3
  1.4750451512406400E+00 a      1156     1    16     2     4
  1.1278857957250958E-01 a      1157     1    16     2     5
 -1.4654488280518618E+00 a      1158     1    16     2     6
 -2.2269922733920611E-01 a      1159     1    16     2     7
 -7.6325173086899067E-01 a      1160     1    16     2     8
  4.8301189740903283E-01 a      1161     1    16     2     9
  1.5529993626025229E-02 a      1162     1    16     2    10
 -2.7112276294750752E+00 a      1163     1    16     2    11
  3.8929095631989213E-01 a      1164     1    16     2    12
 -4.9963123946354077E-01 a      1165     1    16     2    13
  1.3941915021432723E+00 a      1166     1    16     2    14
  4.0114803534019261E-01 a      1167     1    16     2    15
  1.5326225420887574E+00 a      1168     1    16     2    16
 -8.1719562832957993E-01 a      1169     1    16     2    17
 -1.2630360867038284E+00 a      1170     1    16     2    18
  3.7820535785035090E+00 a      1171     1    16     2    19
  3.1696453692289390E+00 a      1172     1    16     2    20
 -3.5194230994073855E-01 a      1173     1    16     2    21
 -1.2553430309150759E-01 a      1174     1    16     2    22
 -8.5132630176828850E-01 a      1175     1    16     2    23
 -1.6821616613551040E+00 a      1176     1    16     2    24
  4.3477475114750302E-01 a      1177     1    17     2     1
 -1.4884453487405733E+00 a      1178     1    17     2     2
 -7.1775790414872351E-02 a      1179     1    17     2     3
 -2.3862582354903114E-01 a      1180     1    17     2     4
  2.1772315075783308E-01 a      1181     1    17     2     5
  4.1291340206990874E+00 a      1182     1    17     2     6
  6.9668993432140525E-01 a      1183     1    17     2     7
  1.8293047568576484E-01 a      1184     1    17     2     8
 -1.2924844566558789E+00 a      1185     1    17     2     9
 -1.4063366975479105E-01 a      1186     1    17     2    10
  5.6861718129740328E+00 a      1187     1    17     2    11
  7.3238988136596959E+00 a      1188     1    17     2    12
  8.4922124932867749E-01 a      1189     1    17     2    13
 -2.0623488178822842E+00 a      1190     1    17     2    14
 -8.6751382017627954E-01 a      1191     1    17     2    15
  2.2529440071416729E+00 a      1192     1    17     2    16
  1.3873898316418574E+00 a      1193     1    17     2    17
 -2.1241668467433006E+00 a      1194     1    17     2    18
 -1.8724729034428300E-01 a      1195     1    17     2    19
  2.4569138659943368E+00 a      1196     1    17     2    20
 -2.2183172443850747E+00 a      1197     1    17     2    21
  1.6704752118849742E-01 a      1198     1    17     2    22
 -1.8801188644015979E-01 a      1199     1    17     2    23
  2.0402847121253838E+00 a      1200     1    17     2    24
  9.9634632840253123E-01 a      1201     1    18     2     1
  1.2804362551863597E+00 a      1202     1    18     2     2
 -2.4716465745375000E+00 a      1203     1    18     2     3
  4.7240409291917518E-01 a      1204     1    18     2     4
  1.4428588737313128E+00 a      1205     1    18     2     5
  1.4404351220595577E+00 a      1206     1    18     2     6
 -2.4354289531259776E+00 a      1207     1    18     2     7
  7.9748265064071777E-01 a      1208     1    18     2     8
  6.6697595343960503E-01 a      1209     1    18     2     9
  1.4922314561022413E-02 a      1210     1    18     2    10
 -8.4586760590397525E-01 a      1211     1    18     2    11
 -1.4865871440115330E+00 a      1212     1    18     2    12
 -2.7086415679034692E+00 a      1213     1    18     2    13
 -6.7501526106591603E-02 a      1214     1    18     2    14
 -1.2088747150746972E+00 a      1215     1    18     2    15
  8.1408287569208904E-01 a      1216     1    18     2    16
  2.2793763088899577E+00 a      1217     1    18     2    17
  1.5729052441739553E+00 a      1218     1    18     2    18
  6.3715320808723841E-01 a      1219     1    18     2    19
 -7.4338021033225865E-01 a      1220     1    18     2    20
 -8.0753356416426725E-01 a      1221     1    18     2    21
 -3.3244039285854021E+00 a      1222     1    18     2    22
  4.3335428184400310E-01 a      1223     1    18     2    23
 -6.3647496198795617E-01 a      1224     1    18     2    24
 -5.1906791499946126E-01 a      1225     1    19     2     1
  1.0213447966343032E-01 a      1226     1    19     2     2
  2.2177516937639452E+00 a      1227     1    19     2     3
  1.8295324714788799E-01 a      1228     1    19     2     4
  7.5446463733073188E-01 a      1229     1    19     2     5
  6.1587959783556900E-01 a      1230     1    19     2     6
 -1.1317326709396143E+00 a      1231     1    19     2     7
  1.0311158053380900E+00 a      1232     1    19     2     8
  3.7556877691573270E-01 a      1233     1    19     2     9
 -6.1437527289800464E-01 a      1234     1    19     2    10
 -2.8245887104141509E+00 a      1235     1    19     2    11
  9.3161490269775132E-02 a      1236     1    19     2    12
 -1.2737156897148616E+00 a      1237     1    19     2    13
 -3.5215952918563714E-01 a      1238     1    19     2    14
  1.6416183520305136E-01 a      1239     1    19     2    15
 -1.2335432080720350E+00 a      1240     1    19     2    16
 -2.2416511382863318E+00 a      1241     1    19     2    17
 -7.7327925601806213E-01 a      1242     1    19     2    18
  4.6170408611915759E-01 a      1243     1    19     2    19
  5.9080769972380798E-01 a      1244     1    19     2    20
 -5.2245571848951444E-01 a      1245     1    19     2    21
 -1.3005544876253423E+00 a      1246     1    19     2    22
  3.0221269734378509E-01 a      1247     1    19     2    23
 -3.6540910650357789E-01 a      1248     1    19     2    24
  1.3290538332520598E+00 a      1249     1    20     2     1
  3.3889756907714377E-03 a      1250     1    20     2     2
 -2.2550104924231205E+00 a      1251     1    20     2     3
 -1.3582406450917903E+00 a      1252     1    20     2     4
  4.5935916133467042E-01 a      1253     1    20     2     5
 -2.2907965813419779E+00 a      1254     1    20     2     6
  1.4886239771660936E+00 a      1255     1    20     2     7
 -1.6057518473912447E+00 a      1256     1    20     2     8
 -1.1443104696907522E+00 a      1257     1    20     2     9
  9.8880907999489065E-01 a      1258     1    20     2    10
  2.1789515007978197E+00 a      1259     1    20     2    11
 -1.7422085084684971E+00 a      1260     1    20     2    12
  2.0478369377945191E+00 a      1261     1    20     2    13
  2.8406219107564201E-01 a      1262     1    20     2    14
 -1.8319754039480733E+00 a      1263     1    20     2    15
 -2.0793103145581946E+00 a      1264     1    20     2    16
 -2.5376243953123923E+00 a      1265     1    20     2    17
  1.9692072342990749E-01 a      1266     1    20     2    18
  4.5671169327532785E-01 a      1267     1    20     2    19
 -8.5356570962031575E-01 a      1268     1    20     2    20
  2.8304484823363345E+00 a      1269     1    20     2    21
  9.1854584101716363E-01 a      1270     1    20     2    22
  1.3034141927578062E+00 a      1271     1    20     2    23
  9.9922804361247075E-01 a      1272     1    20     2    24
 -1.6636403526829566E+00 a      1273     1    21     2     1
  3.0345497889753192E-01 a      1274     1    21     2     2
  5.4567554050150691E-01 a      1275     1    21     2     3
 -4.5866785689436440E-01 a      1276     1    21     2     4
 -4.3351601851069427E-01 a      1277     1    21     2     5
  2.1821957327545376E+00 a      1278     1    21     2     6
 -2.2993877234886866E+00 a      1279     1    21     2     7
  2.1718873307426176E+00 a      1280     1    21     2     8
 -4.5885642895890462E-03 a      1281     1    21     2     9
 -2.0997805227704478E+00 a      1282     1    21     2    10
 -3.7396765378973901E-01 a      1283     1    21     2    11
 -1.5389908689595941E+00 a      1284     1    21     2    12
 -1.4650196721516333E+00 a      1285     1    21     2    13
 -1.6092386632050821E+00 a      1286     1    21     2    14
 -2.5057109787333305E+00 a      1287     1    21     2    15
  1.2005148471881402E+00 a      1288     1    21     2    16
  2.9021395784797370E+00 a      1289     1    21     2    17
 -2.5188744577610502E+00 a      1290     1    21     2    18
 -2.7118469555094245E+00 a      1291     1    21     2    19
  4.6526415081087413E-01 a      1292     1    21     2    20
 -1.8969646592417682E+00 a      1293     1    21     2    21
 -2.4070513888109621E+00 a      1294     1    21     2    22
 -9.4874110298793973E-02 a      1295     1    21     2    23
  2.3656619211828370E-01 a      1296     1    21     2    24
 -4.3790485390195100E-01 a      1297     1    22     2     1
  2.2787493777389797E-02 a      1298     1    22     2     2
  1.7166273929441331E+00 a      1299     1    22     2     3
  2.3387930754851398E+00 a      1300     1    22     2     4
  8.9735309765729715E-02 a      1301     1    22     2     5
  9.1485644664257659E-01 a      1302     1    22     2     6
  1.6088664037526987E+00 a      1303     1    22     2     7
  5.1022861477463366E-01 a      1304     1    22     2     8
  1.0761588078996189E+00 a      1305     1    22     2     9
 -1.4902716810381202E+00 a      1306     1    22     2    10
  4.2666704994131051E+00 a      1307     1    22     2    11
 -3.4348759962682420E+00 a      1308     1    22     2    12
 -5.7095382071494416E-01 a      1309     1    22     2    13
  1.6202438800884098E+00 a      1310     1    22     2    14
 -9.4705703160517551E-01 a      1311     1    22     2    15
  2.0725092296193717E+00 a      1312     1    22     2    16
 -1.2468199548226107E+00 a      1313     1    22     2    17
  1.0998342158758978E+00 a      1314     1    22     2    18
 -2.6290296492218439E+00 a      1315     1    22     2    19
  1.4940646120399599E+00 a      1316     1    22     2    20
  3.9694227380314184E-01 a      1317     1    22     2    21
  2.1249918707372513E+00 a      1318     1    22     2    22
 -2.2277072776713824E-01 a      1319     1    22     2    23
 -2.4457497130320416E+00 a      1320     1    22     2    24
 -3.7895867221312290E-01 a      1321     1    23     2     1
  6.8392398929020581E-01 a      1322     1    23     2     2
 -6.2017396645589384E-01 a      1323     1    23     2     3
 -7.9419117623479951E-01 a      1324     1    23     2     4
  5.9052781667541954E-01 a      1325     1    23     2     5
  1.8580487930379244E-01 a      1326     1    23     2     6
 -3.6386571765698128E-01 a      1327     1    23     2     7
 -6.3824990556337535E-01 a      1328     1    23     2     8
  1.0902046906955281E+00 a      1329     1    23     2     9
 -3.8773631969158145E-01 a      1330     1    23     2    10
  4.3279242407333701E-01 a      1331     1    23     2    11
 -1.8223301765342239E+00 a      1332     1    23     2    12
 -7.1567925958870193E-01 a      1333     1    23     2    13
 -8.0012391390195792E-01 a      1334     1    23     2    14
  4.4174638726129634E-01 a      1335     1    23     2    15
 -7.2225150626693557E-01 a      1336     1    23     2    16
 -2.8412102684416712E-01 a      1337     1    23     2    17
 -7.0442200815103684E-01 a      1338     1    23     2    18
  5.5908436787770577E-01 a      1339     1    23     2    19
 -6.2910970646312525E-01 a      1340     1    23     2    20
 -8.4375670458077390E-01 a      1341     1    23     2    21
  3.5537779003877906E-01 a      1342     1    23     2    22
 -7.2592303922436041E-01 a      1343     1    23     2    23
  1.4565650387270607E-01 a      1344     1    23     2    24
  1.4651533715198422E+00 a      1345     1    24     2     1
 -5.5200432057839044E-01 a      1346     1    24     2     2
  4.9209707311747847E-01 a      1347     1    24     2     3
  1.1745127299505340E+00 a      1348     1    24     2     4
  4.2484286712956604E-01 a      1349     1    24     2     5
  1.5848313468962600E+00 a      1350     1    24     2     6
  6.2385730617915058E-01 a      1351     1    24     2     7
  6.1145240569075798E-01 a      1352     1    24     2     8
  7.7748361550833242E-02 a      1353     1    24     2     9
  5.1685850826358737E-01 a      1354     1    24     2    10
 -2.4549780640276769E-01 a      1355     1    24     2    11
 -1.4417047814706874E+00 a      1356     1    24     2    12
  9.0316209136580750E-01 a      1357     1    24     2    13
  5.0960425421383448E-01 a      1358     1    24     2    14
  8.5321230182066043E-01 a      1359     1    24     2    15
  2.1045245839669904E+00 a      1360     1    24     2    16
  2.4285982238301895E-01 a      1361     1    24     2    17
  9.8560744239116660E-01 a      1362     1    24     2    18
  6.0376676239377491E-01 a      1363     1    24     2    19
 -9.9720102404942390E-01 a      1364     1    24     2    20
 -2.4101243099578654E-01 a      1365     1    24     2    21
  1.4506218172695793E+00 a      1366     1    24     2    22
  2.2129450204730383E+00 a      1367     1    24     2    23
 -1.7215845247154611E+00 a      1368     1    24     2    24
  6.7567572372884332E-01 b      1369     2     1
 -1.2288765183000729E+00 b      1370     2     2
 -2.5791367547124038E+00 b      1371     2     3
 -2.4067159447578308E+00 b      1372     2     4
 -2.7059932209079918E-01 b      1373     2     5
  1.2763828873927965E+00 b      1374     2     6
  1.4792450329801838E+00 b      1375     2     7
 -2.0252196588090912E+00 b      1376     2     8
 -3.5647621278202402E-01 b      1377     2     9
  4.3022502175445325E+00 b      1378     2    10
  2.3651043655386506E-01 b      1379     2    11
  3.3126445514438898E+00 b      1380     2    12
  3.9725492684107255E-01 b      1381     2    13
 -1.1621906536857032E+00 b      1382     2    14
  3.2389659437912077E+00 b      1383     2    15
  1.1348584452666348E+00 b      1384     2    16
  1.9110284988330766E+00 b      1385     2    17
  3.0257006749181388E+00 b      1386     2    18
  6.8456803834892133E-01 b      1387     2    19
 -2.9534331503176623E+00 b      1388     2    20
  1.4078815975922607E+00 b      1389     2    21
  2.9674955346816208E+00 b      1390     2    22
 -1.0913437828902357E+00 b      1391     2    23
  3.8824810957722931E+00 b      1392     2    24
 -5.1223899076475243E-01 a      1393     2     1     3     1
 -5.0682379073013284E-01 a      1394     2     2     3     1
  5.1312978087156916E-02 a      1395     2     3     3     1
 -5.3953224657745236E-01 a      1396     2     4     3     1
  4.7299217689138312E-01 a      1397     2     5     3     1
 -3.2695395618573020E-01 a      1398     2     6     3     1
  1.8541747114825269E-01 a      1399     2     7     3     1
  5.1163824053579232E-01 a      1400     2     8     3     1
  5.6637756526583238E-01 a      1401     2     9     3     1
 -3.3355200630623144E-01 a      1402     2    10     3     1
  3.1805378223528517E-02 a      1403     2    11     3     1
 -3.4125298603667598E-01 a      1404     2    12     3     1
 -2.8083154079870476E-01 a      1405     2    13     3     1
 -4.7560731480040930E-01 a      1406     2    14     3     1
 -2.8739922814678975E-01 a      1407     2    15     3     1
  2.8346628972697069E-01 a      1408     2    16     3     1
  2.8566557283747812E-01 a      1409     2    17     3     1
  2.1637550517852011E-01 a      1410     2    18     3     1
  5.5150571797073400E-01 a      1411     2    19     3     1
 -1.0799450029745745E-01 a      1412     2    20     3     1
  1.3408513968721922E-01 a      1413     2    21     3     1
 -1.0046144652981219E+00 a      1414     2    22     3     1
  2.4130852321527829E-01 a      1415     2    23     3     1
  2.5522488448371511E-01 a      1416     2    24     3     1
 -3.2943233565694918E-01 b      1417     3     1
