     -0.1337185626
      0.2323388622
     -0.0335081961
     -0.0959527968
      0.3544429414
     -0.2975377525
     -0.0778327828
      0.1795506479
     -0.3060543872
     -0.2034407495
     -0.2685812579
      0.1080931984
     -0.2831970038
      0.2392872883
     -0.5784693764
     -0.3900623706
     -0.6468500831
      0.1823482583
     -0.2192748577
      0.4646003509
     -0.1190780787
      0.2958157636
     -0.0769280002
     -0.1328204065
     -0.0517228070
     -0.4483136104
      0.3805362904
     -0.3157131810
     -0.3230276013
     -0.2307106412
      0.0673641337
     -0.1531446710
     -0.2530880005
     -0.0941265227
      0.0338979224
      0.0528863388
      0.1179033326
     -0.3624426679
     -0.4232854467
      0.0907553621
     -0.0139168605
      0.2029049017
      0.4586250736
     -0.1368461330
     -0.1207882097
      0.2011123595
      0.4914621602
     -0.1937626592
      0.0663567436
     -0.5386576313
     -0.1597539128
     -0.0984246672
     -0.0077792925
     -0.4071333550
     -0.2064428396
     -0.4783951645
     -0.5085876769
      0.3635140505
      0.1433655787
     -0.2510458799
      0.1767838399
      0.2890980737
     -0.2919255883
     -0.2299300061
     -0.3330769306
     -0.2943381403
      0.1787502274
     -0.4337543204
     -0.0784326545
      0.1423695541
      0.1194807813
      0.4120301981
      0.1027188244
      0.2331492779
      0.2991745417
      0.0229379650
     -0.4377102808
      0.0198712775
     -0.3581397213
      0.2294905380
      0.0367528605
      0.4373031988
     -0.2614615031
      0.6004552134
     -0.1267628587
     -0.4705283418
     -0.0117051185
     -0.4651109931
      0.2652242720
     -0.1255415207
     -0.0481418278
      0.7361435675
      0.5820394732
      0.0956629391
     -0.0254867238
     -0.5459016755
      0.0780741646
      0.0700436966
     -0.3078819819
      0.3624516877
     -0.0622331979
      0.3853877643
      0.2130683583
      0.0850111112
     -0.4551037384
     -0.2396269409
      0.2530853774
      0.5365073337
      0.2976218080
     -0.0593778808
      0.2507887457
     -0.2170189210
      0.2828101197
      0.0216112371
     -0.0255424656
      0.1503396748
     -0.0979376636
      0.6576397998
      0.6358562849
     -0.2299601217
      0.2029762946
      0.3356957999
     -0.1124760731
     -0.2189383717
     -0.3574786284
     -0.6819531613
     -0.1029582369
      0.0986427055
      0.3601597430
     -0.5815152560
      0.3996026489
     -0.8104371356
      0.6970463690
     -0.4762225971
     -0.2199648814
     -0.1924743120
     -0.3395054250
      0.6353511641
     -0.0433193076
     -0.2584099027
      0.2775421608
      0.3663517766
      0.1418151586
      0.4952358992
     -0.1349095209
      0.0430156089
      0.1356833388
     -0.6708208500
     -0.3173822934
     -0.0218439671
      0.2198699946
      0.1146838912
      0.7462205480
      0.4423419871
     -0.0827697201
      0.0127502168
     -0.0657255839
      0.4421250216
     -0.1517631030
      0.0806645777
     -0.2768634199
      0.1367335988
     -0.3902699027
     -0.1168882315
      0.1943880082
     -0.0070165483
     -0.1669436870
      0.0799012062
     -0.0097434916
      0.3931710186
      0.3351263860
      0.9132074652
      0.0725693026
      0.3712776052
     -0.0971703935
      0.2334400587
      0.1393124889
     -0.5062295467
     -0.0552031500
      0.3220936693
     -0.4624206083
     -0.0747397938
      0.0333661206
     -0.4294605240
      0.6477860829
      0.3313339503
     -0.3849273926
     -0.2344637597
     -0.4400527122
     -0.0418869840
      0.1205876537
     -0.1380810184
      0.6313809471
      0.0141310772
      0.2497284841
      0.3067045786
      0.0893741179
      0.2026226151
     -0.0482584617
     -0.5445135868
     -0.0919909507
     -0.4525923977
      0.3036292211
     -0.5823934386
      0.1975109110
      0.2170832691
     -0.2159719767
     -0.6826784919
     -0.3531061699
     -0.4033308791
      0.1079800719
      0.5097924875
     -0.3970345855
     -0.0306417999
     -0.1567719597
     -0.0821222766
     -0.3969904899
     -0.1234094901
     -0.0819312287
     -0.3790311585
     -0.4626995242
      0.1586136031
     -0.0646041649
      0.1494630639
      0.2323483426
     -0.1237957140
      0.1623920777
     -0.1170476470
      0.2274914690
      0.1851411147
      0.3165172134
      0.0259487760
     -0.3726862359
     -0.1793535879
     -0.0901446220
     -0.3909223636
     -0.0588710799
     -0.3166557482
      0.1655287396
     -0.1544251846
     -0.0705489739
     -0.1266506375
      0.4169855125
      0.3764063971
     -0.8742386697
     -0.3736792242
      0.4699910513
     -0.0645323982
     -0.0389523742
     -0.1579065097
      0.0485796733
     -0.8326252081
     -0.4623976932
     -0.2702271641
     -0.1160757823
     -0.4696032562
     -0.1941094173
     -0.2034060798
      0.1847347763
      0.1327179992
      0.6294989787
     -0.2489309880
     -0.0380008998
      0.4837933454
      0.2921095638
      0.3561788469
     -0.5006577569
      0.3582451213
     -0.1900222018
      0.5272612475
      0.2354151238
     -0.8968753688
      0.0600195247
     -0.1002658994
     -0.4220184757
      0.0831891059
     -0.3522585952
     -0.3989445818
      0.1987029172
      0.2845281483
     -0.1843248055
     -0.2654202191
      0.1537342114
      0.1131378315
     -0.0520773316
      0.1162323514
      0.2510378241
      0.4361740443
      0.1036976720
      0.3022475914
     -0.5205597682
      0.0216649229
     -0.4934945135
     -0.2822132586
      0.2847005581
     -0.4168957940
      0.0648666745
     -0.5565624498
      0.0364783544
     -0.3355619323
      0.0131531565
      0.1466981979
     -0.0390756381
      0.1960091970
      0.0549637852
      0.0331485215
      0.1667627058
      0.2544685823
     -0.4808235634
     -0.0229114097
     -0.4539570753
      0.4987106966
      0.0057871353
      0.4101117506
     -0.1101602641
     -0.2706681646
      0.7095335896
      0.1558834581
     -0.4677899115
     -0.5293336233
      0.3872047525
     -0.0307302232
      0.0097236844
      0.1037873309
     -0.1320287180
      0.2346175020
      0.1155386334
     -0.1486225623
      0.2254255986
     -0.4093280722
     -0.4789248652
      0.5711880449
     -0.0438233878
      0.3482455330
      0.5588491148
      0.1722041889
      0.3386345850
      0.2523376383
     -0.1540484441
      0.7321932003
     -0.2110860899
     -0.3974755854
     -0.3130963431
      0.7463217106
     -0.2196416103
     -0.2670157167
      0.6686329610
      0.1289069189
     -0.3833026254
      0.1815547454
      0.0360108046
      0.1297102951
      0.0743272581
      0.3497330218
     -0.3727925444
     -0.3742095445
      0.1172969791
     -0.1309019439
     -0.0674949815
      0.1409870224
     -0.3448377525
      0.4006513103
      0.3346868742
     -0.4373986729
     -0.3633489499
      0.1920627759
     -0.5826036281
     -0.2090538894
     -0.1190961702
      0.0180146769
      0.2456798505
      0.2544485407
      0.0458624966
      0.2200122304
     -0.1452282641
     -0.1474156889
     -0.2636286514
      0.1831934885
     -0.0734634084
      0.4697180277
      0.3139907306
      0.3351311179
      0.1874199569
      0.8669839043
     -0.3740260436
      0.1302475281
      0.6574471600
     -0.3567634913
     -0.1778165279
      0.2958336617
      0.2667352656
      0.8345712085
     -0.4561067623
     -0.1213889729
     -0.4063494189
     -0.6387852780
      0.0214578072
     -0.2766439868
      0.7196214732
     -0.1143644403
      0.1917563133
     -0.5622619002
     -0.7279377227
     -1.2748966452
      0.7736162762
     -0.4636498356
     -0.7063120688
      0.0310298867
      0.5116716491
      0.2656783441
      0.2565697977
     -0.3957307786
     -0.0722954775
      0.3302042951
      0.3354110749
      0.5989316797
      0.0953666778
      0.4017439805
      0.0435417448
     -0.6058123761
     -0.4249257724
      0.2098115601
     -0.3840170019
     -0.8220495702
      0.7011862240
     -0.5625624059
     -0.1582310353
      0.0015993732
      0.2160439099
     -0.0824956233
     -0.0419089270
      0.0916893124
     -0.7987515383
     -0.3328320361
     -0.2937951050
      0.0045008087
     -0.3355455058
     -0.0580331521
     -0.4673160149
     -0.6085692835
      0.1110714216
     -0.1827763846
      0.4063139009
      0.7737269104
     -0.5827984685
      0.0804803632
      0.5943089776
      0.0912575780
      0.5114971072
     -0.3329991545
     -0.0936123851
      0.3285832777
      0.3541766650
      0.0769860423
     -0.2788542718
     -0.6006009297
      0.0939391274
      0.1632983342
      0.0650778641
     -0.0106051047
      0.2153427102
     -0.0806584573
      0.5104403117
      0.3961445393
      0.3928692315
     -0.4008551665
      0.0555781527
      0.2668490665
      0.3798931944
     -0.4063845677
     -0.1836235894
      0.1623934120
     -0.0773555552
     -0.1116441708
      0.0385337982
     -0.1962767005
      0.4766951352
     -0.1203541591
      0.1665694550
     -0.3318199837
     -0.1718224248
     -0.0622048450
     -0.7717414988
     -1.4805563470
      1.2979945079
     -0.0334272627
     -0.9523615098
      0.1606104044
      0.0979410622
      0.0217928517
      0.5789234242
     -0.2864051221
     -0.8019847177
      0.1282353879
      0.0365825467
      1.5133341660
      0.1258504061
     -0.1503227303
     -0.9578653538
     -0.8091904467
      0.3653442192
     -0.3388191458
     -0.0990971796
      0.5320376812
     -0.9415474021
     -0.1411485221
      0.4292678976
     -0.0927247539
     -0.2510878824
     -0.0259892979
     -0.7414751176
      0.7878459542
     -0.1309577693
      0.1285012494
      0.4324584994
      0.6768446956
      0.2743816017
     -0.0265152136
      0.2960921390
      0.4745247672
      1.2382630441
     -1.3137462630
      0.2627717281
      1.1352724682
     -0.7492806275
      1.1303522749
      0.5495501966
      1.3557162549
      0.8347704930
      1.2967555832
      0.5523770727
     -0.6671629551
      0.1367731824
      1.2063357470
     -1.3085664372
     -0.8913961521
      0.7297696122
     -0.3891858945
      0.2991048815
      0.2630324415
     -0.4490144953
     -0.5447189341
      0.1007681398
      0.5740950549
      0.0461466530
      0.3012616747
      0.6449320073
     -0.4751503647
      0.2966304130
      0.4238378463
      0.6995314732
      0.1529606781
      0.0015522411
      0.1823338066
     -0.0336524922
     -0.4561557996
     -0.7311044959
     -0.3627339145
     -0.3829192169
      0.0030907620
      0.5875560787
     -0.2629426704
      0.1022363062
     -0.1738585851
      0.4836086902
      0.3165130065
     -0.1809181009
      0.1651369388
      0.3602997780
     -0.2140401031
      0.1509644620
      0.0691740499
     -0.2438623095
     -0.4779433472
     -0.0480954746
     -0.5382055817
      0.0401247715
     -0.4967773117
      0.5860613322
      0.2705159527
     -0.6778607993
     -0.4320500933
      0.2939183349
      0.0169502008
     -0.6031595881
      0.7009071172
     -0.8321940566
      0.5504933985
      0.1130612053
      0.3881803328
     -0.0994656364
     -0.2871335193
     -0.4239522939
      0.2271602217
      0.6801695267
     -0.3605015734
      0.3477895899
      0.1308787073
      0.0474542122
      0.4220897912
      0.0689656408
     -0.1909316880
     -0.0415740214
      0.5784280860
      1.2179556064
     -0.2931983100
     -1.1132443841
     -0.2257600111
      0.2314169636
      0.8165108747
      0.1992915476
     -0.5291516775
     -0.1043000293
      0.7247352334
      0.6173251852
      0.4309200962
     -0.2046070064
      0.5304755634
     -0.3946485901
      0.1384154677
     -0.0927778585
      0.0011223985
     -0.1012720280
     -0.0973508680
     -0.8687854487
      0.0330574955
      1.1245292579
     -0.2022334283
      0.7054725748
      0.4748326805
     -0.4214438164
      0.5380891079
     -0.1154921626
     -0.5406331368
     -1.3407708243
     -0.6038372914
     -0.5185159290
      0.4766424221
     -0.3790764010
     -0.4865366693
      0.4295264420
      0.7313793323
     -0.2571357248
     -0.7315032280
      0.1961921416
      0.1108865176
      0.7192393506
      0.3450421294
     -0.0656688042
     -0.3057871539
     -0.0140501273
      0.5398367016
     -0.3377590874
      0.0714144058
     -0.5439552759
     -0.0082534165
      0.0682116664
      0.1685104769
     -0.3694531225
     -0.3550289205
      0.2576797454
     -0.7720452806
      0.2563745430
      0.0812639744
      0.6777989969
      0.0445392393
     -0.1469702935
     -0.4939882177
      0.4851808139
      0.1043300827
     -0.2920440174
     -0.1808362442
      0.6409738026
      0.2151040160
     -0.0743546340
     -0.2973150704
     -0.5549261071
      0.3412847259
      0.0438554602
     -0.0636173633
     -0.4638555245
      0.1399919803
     -0.2609591221
     -0.6567587488
     -0.6659742858
      0.4358040088
      0.2085813340
      0.2950139961
      0.3654424967
     -0.0586923809
     -0.2117751764
      0.4730803456
     -0.0110557056
     -0.5002244867
     -0.4320166598
     -0.1658178814
     -0.3569975863
      0.0681151716
      0.1485902437
      0.0852716762
      0.4787309977
      0.3384420830
      0.3951850207
      0.4600848141
     -0.7874179241
      0.3175482323
     -0.1810943997
      0.2762141201
      0.2443186849
     -0.3847402269
     -0.5156850937
     -0.2551917073
     -0.3023873785
     -0.2981989001
      0.4714213166
      0.3860792008
      0.1280181873
      0.2696883046
     -0.2007566515
      0.7174523899
     -0.2692657896
     -0.2012550864
     -0.4044354387
     -0.2779686282
     -0.1021539862
      0.4076965511
     -0.2741975668
      0.3295585730
     -0.3971497050
      0.2277517433
     -0.2976704553
     -0.3855556687
     -0.3307974572
     -0.1487355710
     -0.4781429195
     -0.5978940251
     -0.2960257767
      0.2980256891
      0.6024829388
     -0.4298007506
     -0.4975902830
     -0.3393722136
      0.6497292662
     -0.2344975969
     -0.0954947125
     -0.2165688272
      0.7700736885
     -0.4405894906
      0.0748489357
     -0.2300270868
     -0.0878361817
     -0.6761612779
     -0.5949976399
     -0.4453705220
     -0.6281792310
     -0.4649125872
      0.6772072739
     -0.4768086646
     -0.2573454977
      0.2704841532
     -0.2860903785
      0.2953720639
     -0.1639153118
      0.3994266301
     -0.1057620241
      0.6201256175
     -0.4980356623
      0.0493359141
      0.4787316069
     -0.0035853334
      0.0949814963
     -0.0408138628
     -0.1885146397
      0.7450091132
      0.5150037980
      0.1470483798
      0.0863613398
      0.2741032729
      0.2968048971
      0.2825930889
     -0.6866972726
      0.2719089216
     -0.2475293736
      0.4548296464
      0.6086481035
     -0.3125184811
     -0.8928657569
     -0.2912584622
     -0.5671420954
     -0.2923409654
     -0.0641857628
     -0.8567827475
     -0.2232919548
      0.3652697728
      1.0251238794
      0.1498255303
      0.7352302102
      0.3278355844
     -0.2743759322
     -0.0206924305
      0.1258628769
     -0.6444609301
     -0.4292311752
     -0.3782261854
     -0.0507345608
     -0.5029603197
      0.7317057521
     -0.1502040436
      0.3091465415
     -0.5441522683
      0.3938643025
      0.3912471255
      0.0652478131
     -0.6585285510
     -0.6120352026
     -0.3329582648
     -0.4325397336
     -0.1570964839
      0.0425032409
     -0.6345044687
      0.4321858031
      0.6026091233
      0.3637304438
      0.7824432504
      0.3791620061
     -0.0228277295
     -0.0098028724
     -0.0655289655
      0.4952711568
      0.3683984224
      0.1926796902
      0.2004716142
      0.3420734425
      0.8515958602
      0.2280574731
     -0.1499226047
     -0.0036565532
      0.6709329628
     -0.3086600238
     -0.1034445287
     -0.3016115770
      0.1423835089
      0.2344126705
     -0.5011505901
     -0.9565312073
     -0.5395188598
      0.7703186354
      0.0724377839
     -0.3973644517
      0.2926394616
     -0.1508994222
      0.4627410995
      0.1332580625
     -0.5927752574
      0.3427161114
      0.0922465350
     -0.0457808579
     -0.6100400712
     -0.2499592066
      0.3919014178
      0.2000938721
      0.0286167378
     -0.3170739718
      0.6687260746
      0.1347965337
      0.2192617638
     -0.1277392537
     -0.4269814532
      0.4847635180
     -0.6528281844
      0.5271052309
     -0.3291073074
     -0.4812997281
      0.0241843484
     -0.3880595000
      0.2490729488
      0.4083723551
     -0.2852437081
     -0.3736127525
     -0.9359263139
      0.8068388333
     -0.6953574797
      0.5346214892
      0.5069991082
     -0.2954393537
     -0.1753885467
     -0.3065680481
     -0.0403082273
     -0.2318213629
      0.3594609818
     -0.5227476133
      0.5842863028
      0.3821533704
      0.1342125691
     -0.7367841852
      0.0289825836
     -0.3284490900
      0.0187688629
     -0.5688462171
     -0.6148484497
     -0.3846642195
     -0.5930896339
      0.3908000165
      0.0888257494
      1.1979506548
     -0.4464670336
     -0.8706254424
     -0.0968156894
      0.0159906045
     -0.2874121535
     -0.3325150203
     -1.0037597755
      0.4682400794
      0.1353960584
      0.7710241135
     -0.2624040151
      0.2845773892
     -0.6959964757
      0.4889080374
      0.8634067970
     -0.0350024218
      0.0585437760
      0.3160938599
      0.7121154811
      0.2804609700
      0.4148047713
     -1.0691547106
      0.0720977027
     -0.5894120928
     -0.5117383301
     -0.3921424122
      0.4837035949
      0.3501315583
      0.5068687075
      0.0611799537
      0.0440394538
      0.1982269959
      0.4188825037
      0.3401547918
     -0.1463753551
     -1.4650146022
      0.8143144728
     -1.2882112688
      0.9073432315
      0.9430660201
     -0.0845121133
     -0.3165025860
     -0.2192803050
      1.6522230190
      1.5636693290
     -1.5122832327
      0.4760864905
      1.1917000295
      1.4358572026
      0.1465051251
      0.3839320277
      0.2247495559
     -1.4732970102
      0.7272598638
      1.4130882572
     -0.0654857217
      0.0693700237
     -0.3801561010
     -0.1376016783
     -0.6232815942
      0.1393571491
     -0.2527446937
     -0.2818964895
     -0.1140848774
     -0.0328768553
     -0.4458177527
      0.4449953354
     -0.1283622164
     -0.3819160793
      0.2560466972
     -0.0035393397
     -0.2345802481
     -0.3394654899
     -0.0482320119
     -0.1839160413
      0.0451007051
