      0.7878148464
      1.2422042390
     -0.3834720000
     -0.3242333577
      0.0126616543
     -0.9296198995
      0.0564341415
      0.0755171229
      0.1347589979
     -0.4309795591
     -0.6374563967
      0.0755907233
      0.0646602904
     -0.5143570729
      0.3422273878
     -0.5625224441
     -0.6959237212
     -0.3826020635
      0.1355764484
     -0.0051681985
      0.0458944321
      0.5782188895
      0.0899338533
      0.0724336870
     -0.1766082517
     -0.0855111034
      0.5784739249
      0.2166082102
     -0.3682761664
      0.0871517137
      0.6367755427
     -0.2670060906
     -0.4936337382
      0.2086121037
     -0.0105006107
      0.3930928946
     -0.3230723180
      0.1928283329
     -0.4439740492
     -0.0260420815
     -0.3391590565
     -0.3743464555
      0.6215562613
     -0.0426488400
     -0.3861143101
      0.7250613082
     -0.2920075458
      0.2371130569
      0.3382602632
     -0.9144667256
      0.5807710714
     -0.1366555303
      0.5951771122
     -0.1027860659
     -0.4459844987
      1.6528362163
     -0.2275386349
     -0.0656723617
      0.1033895639
      0.0336657787
      0.0314011067
     -0.2064037704
     -0.7901153033
     -0.3716042303
      0.0227036235
     -0.4240842162
      0.8478298197
     -0.3219027413
     -0.1918024731
     -0.3086419574
      0.0761267259
      0.2831485780
      0.4190142172
      0.1876842075
      0.1481367452
     -0.9154319200
      0.2383454686
      0.1993422654
      1.1475063752
     -1.2972598015
     -0.3113847081
      0.4760711060
     -0.0829298330
      0.1432237418
      0.1683634195
     -0.1202531306
     -0.4532841448
      0.7104559178
     -0.1590879280
     -0.6209551084
      1.9371852958
      0.1310628001
     -0.0450836554
      0.1727225852
      0.7627928567
     -0.0626455589
      0.5669562299
     -0.7801279954
     -0.2614202922
      0.0903540635
     -0.6596388988
     -0.3180594383
     -2.0464591759
      1.5863445201
      0.5639658706
     -0.9726478302
      0.2555267423
      0.0038396702
     -0.3306311100
      0.1333124410
      0.4451884980
     -1.3213603679
     -0.4076989779
     -0.0568447744
     -2.1421654561
     -0.8022498837
     -0.3287262318
      0.4423015621
      0.1176670581
      0.2566980877
      0.2698950405
      0.0428542648
      0.1332792911
      0.5848228813
      0.0636878522
      0.6431251226
     -0.8855513488
      1.7541430244
     -0.2023193463
     -0.4635431691
      0.4753194750
     -0.1064616897
     -0.2463649217
     -0.1569625333
     -0.6084294102
     -0.6083518809
      0.1278924508
     -0.2049733480
     -0.7052537940
     -0.4719312839
     -0.2089531021
      0.2332197898
      0.1066774516
      0.4949593491
      0.7405794174
     -1.8636703360
     -0.0487607272
     -0.6912498830
     -0.0138969151
     -0.2141263632
     -0.2144616416
     -0.3232648010
      0.4962205012
     -0.0129575095
      0.6513570005
     -0.2315109845
      0.0409845868
      0.3704338943
      0.3085295829
      0.6886471644
      0.0568383171
     -0.1780538866
      0.2237331566
      0.3700913129
      0.2344003274
     -0.0859678814
     -0.2059145779
      0.3057322966
      0.6774652079
     -4.2677533786
      0.0632402303
      0.0132664069
     -0.0843347086
      0.0402596564
     -3.0470014111
      3.0367453237
      0.2659818597
     -0.9278997359
      0.4315935000
      0.1145261864
     -0.1876287590
      0.5982469175
      0.0768779775
     -1.2020279351
      0.1377581698
      0.0607006834
     -2.6951063445
     -0.5510652565
      0.3428013022
     -0.3398316967
     -0.8151783099
     -0.2418994855
     -0.2219704860
      0.0268294001
     -0.2317033327
     -0.0352577355
     -0.2306562398
     -0.2635868760
      0.5106474648
     -0.0569170193
      0.0988589091
      0.0277211653
      0.0364707529
     -0.0855630508
      0.0144284958
     -0.4346537333
     -0.3229559587
      0.1596049538
     -0.4507145470
     -0.1870795521
      0.1832631991
      0.2026149232
     -0.0583853724
      0.0180591792
     -0.1890453514
      0.0191780980
     -0.4475503790
      0.2207326819
      0.0939379824
     -0.3196767789
      0.0367159507
      0.4919840494
     -0.4768738485
      0.1748448126
     -0.3680074989
     -0.4000136141
     -0.2760477052
      0.0858383999
     -0.0889097118
     -0.0055460338
      0.0256870947
      0.0899380196
     -0.5282758635
      0.0392756566
     -0.1118908323
     -0.5048427762
      0.1558515190
     -0.5476578699
     -0.1064447017
     -0.0661557495
      0.0181819086
      0.0160061760
      0.1286998637
     -0.2838421128
      0.1385782384
      0.0452414499
      0.4777106086
     -1.0586082333
     -0.1037424489
      0.4988434587
     -0.0947645205
      0.1264285340
     -0.1516556812
     -0.1630445207
     -0.2239782110
      0.5213973552
     -0.5134704871
      0.1266700369
      0.5223501213
     -0.0632059474
     -0.0866966057
     -0.1684735487
      0.0728980057
     -0.0311245279
      0.5939764579
      0.6564012616
     -0.1281136352
     -0.2725850686
      0.3499034795
     -0.4148236403
     -0.2073612622
      0.1562704552
     -0.1301705729
      0.1233629061
     -0.5582194167
      0.0183608494
      0.1200945252
      0.2314619864
     -0.2879167413
      0.3352768634
     -0.1305678269
      0.2993488775
      0.4295619702
      0.2074582839
      0.0434356024
     -0.4226249420
     -0.5105998858
     -0.2942947010
     -0.4128570908
      0.3575829699
      0.0383209960
      0.7596617419
     -0.5761372654
      0.6740026968
     -0.4113965170
     -0.1953838118
     -0.3701637032
     -0.7259568273
     -0.0767874228
     -0.0488033051
     -0.1851410550
      0.6624909303
      0.0878205432
      0.1308507087
     -0.0676612015
      0.1680096019
      0.0655907503
     -0.0809746182
      0.6282964216
      0.3307648317
     -0.2708014056
     -0.1047622189
      0.0506946339
     -0.5560261100
     -0.5428736621
      0.5164989058
     -0.3889143549
     -0.2606910999
     -0.0042842866
      0.8574596773
     -0.1333165249
     -0.2992655669
      0.5249635136
     -0.0790638564
     -0.4689230334
     -0.1517006551
     -0.2980757259
      0.2729885325
      0.4415326434
      0.1643879882
      0.3025873629
     -0.1959131371
     -0.0139221424
      0.8619326317
      0.0036833953
      0.1531287516
     -0.4306203877
     -0.2070064518
      0.0029056154
      0.0372450765
      0.2883492321
      0.4190387418
      0.5549790979
     -0.2870609293
     -0.2193125836
     -0.5476415761
      0.2608811097
      0.2677564400
      0.1702262900
     -0.2935761428
      0.0475945315
      0.2882207569
      0.0643976254
      0.4713335068
      0.1328561362
     -0.1690581808
      0.1261052808
      0.2349086390
      0.2858729357
      0.0940150630
      0.4034375566
      0.5570258207
     -0.2314016847
      0.0196307756
      0.6985523667
      0.2958807860
      0.7533843223
     -0.1016527105
     -0.8717066386
     -0.1274152079
     -0.2964441094
     -0.2940381158
     -0.1507002374
      0.0459118983
      0.1222549701
     -0.0271885205
      0.3698969407
      0.1961152748
      0.1788680864
     -0.4759668745
     -0.3296966859
     -0.0698403646
     -0.1507775220
     -0.3992565260
      0.1213640174
      0.1066504672
      0.6194558769
     -0.4404130172
      0.3352137656
     -0.3823460131
      0.3695018019
      0.2147457066
      0.1619746150
     -0.2401527470
     -0.6075598118
      0.1514361880
     -0.2310655182
      0.0098628491
      0.1222890063
     -0.3125855754
      0.5614512704
      0.1821576800
     -0.1615594604
     -0.0781436935
      0.1982164452
     -0.6837620280
      0.3560768846
      0.0813001652
     -0.5858841224
     -0.2828650853
      0.1879833103
     -0.1596369097
      0.3530225455
      0.2390998741
      0.1279413526
      0.1222647809
     -0.0760004230
      0.2004929779
      0.0556477700
      0.0561109756
      0.1271546783
     -0.2460057695
     -0.2226860666
     -0.1008421209
     -0.2589790314
     -0.2599004099
     -0.1677149504
      0.1100121131
     -0.2101935767
      0.2312815949
     -0.1419247535
      0.0712484352
     -0.3158607158
     -0.4626024964
     -0.0022553538
      0.1821342611
     -0.0090414975
     -0.3646505285
      0.5047708303
     -0.1622606681
      0.3368268708
      0.5525611004
      0.0608820608
     -0.1892384910
      0.1678652595
      0.0213625361
     -0.0623827638
     -0.0503724655
     -0.5501578779
      0.0669519415
     -0.1215636652
      0.4954899654
      0.1292089975
      0.1224152098
     -0.1640964496
      0.0879388861
      0.1340107055
     -0.3072439048
     -0.3876687531
     -0.3568012037
      0.0906196247
     -0.2501479979
     -0.3210645821
      0.5253887507
      0.4110196742
     -0.0794000392
     -0.2695391310
     -0.1838923934
     -0.5901339783
      0.2396018379
     -0.2089669641
     -0.2282212917
      0.3416311822
      0.0217286472
     -0.8720020689
     -0.0624744614
      0.0020686601
     -0.4434063508
     -0.0888289195
     -0.0393609368
     -0.2810659220
      0.2789119390
     -0.1036273201
     -0.5933809647
     -0.2471658015
      0.0742383328
      0.1709823130
     -0.0394528223
      0.2184620027
     -0.1026179431
     -0.0236644608
      0.0150517075
      0.0629419090
      0.0795089513
     -0.2079437398
     -0.4577829723
      0.1800796294
     -0.3082856220
     -0.2134449848
     -0.0011540545
      0.0885701223
     -0.1992627043
      0.2909406916
     -0.1041342351
     -0.6079027773
      0.3015505737
      0.2134860457
     -0.1386472306
      0.2150029333
     -0.1095773355
      0.4157173557
     -0.4034034242
      0.0310913458
      0.4267079161
      0.2405285895
     -0.0190047653
      0.3257645024
     -0.2606617922
     -0.1940011558
     -0.2400608407
     -0.1621772379
     -0.3835448079
      0.2475036004
      0.1838705599
     -0.3069847292
      0.2868200333
      0.2748077384
     -0.4052560545
     -0.0211741395
     -0.0607503891
     -0.2493616804
      0.0010022938
      0.1509016512
      0.3308699875
     -0.1400675220
     -0.0790871550
      0.0489167548
      0.0211532442
     -0.3255711185
      0.1999301111
      0.3840299657
      0.0104336953
      0.3210936943
     -0.0505999097
     -0.6477551023
     -0.1419092561
      0.0445692656
      0.1135441737
     -0.0463984125
      0.0912611116
     -0.2696718929
      0.1653048511
      0.1045017077
     -0.5168025551
      0.4991268028
     -0.2130765685
      0.3469368166
     -0.4030946274
      0.2640801613
     -0.2623642261
     -0.1178893291
      0.1638560778
     -0.3550552335
     -0.1435176084
     -0.2488402281
      0.1355819794
      0.1055548221
      0.3455249259
      0.1349205453
     -0.0721332467
     -0.2469379883
      0.3122983292
     -0.3536656188
     -0.1860774883
     -0.2893851640
      0.3334022992
      0.6773981489
     -0.1638268602
     -0.1324258085
     -0.2268091479
      0.1493098907
     -0.1494994603
      0.4357717023
      0.0414835891
      0.0499352806
     -0.1112912525
     -0.3693463912
     -0.1504086318
     -0.1965602350
      0.3351692202
     -0.4759978150
      0.4012056150
      0.5770046491
      0.2465168364
      0.4166082504
      0.1858397820
      0.3602930543
      0.0152445873
     -0.1348531425
      0.0465866322
      0.1115363446
      0.1267478047
     -0.1187337075
      0.3742010632
      0.0592963208
     -0.0165159523
     -0.1291314017
      0.1745480069
     -0.1495199337
      0.2306269939
     -0.4557465087
     -0.0215434184
      0.4579523722
     -0.2326406895
      0.2333615319
     -0.0316006871
      0.2010493024
     -0.0830648375
      0.3634240256
     -0.6539724693
      0.0238273891
     -0.2808317348
      0.3125451412
     -0.1224551824
      0.0106970021
      0.6079233052
      0.0089673225
     -0.0941008854
     -0.2567524136
      0.4166237367
     -0.4154096574
      0.3674905874
      0.0642601859
     -0.2340455728
     -0.0768707494
      0.2605954787
     -0.1190839555
      0.2582324023
      0.1133652878
     -0.7755158716
     -0.1348557321
     -0.5830086275
      0.1040427603
     -0.3533357604
      0.3086750570
     -0.7196953843
      0.2369015027
      0.0323752007
     -0.1352505181
      0.0052396663
      0.2832068126
      0.5303249517
     -0.5686190495
      0.0147862861
     -0.0092820098
     -0.2025819145
      0.0815314498
      0.0849088991
      0.1753527183
      0.1746464827
     -0.3180270964
     -0.7663936323
      0.1836560368
      0.0747664191
      0.0729920931
      0.3136993495
     -0.2552960052
      0.2553510417
     -0.1761806096
     -0.2752885643
     -0.0166129521
     -0.6277951411
      0.1533819462
     -0.4908157538
     -0.2823528058
      0.5934729726
     -0.2642408525
      0.1914544926
     -0.2447341017
     -0.3214472622
      0.1142543493
     -0.6231276526
      0.1445213933
     -0.4044959607
      0.0598486247
      0.5429329927
      0.0699582698
      0.3108946865
     -0.4811056312
      0.4718140067
     -0.0779802808
     -0.2142157246
      0.1051004117
      0.2093360398
     -0.3457464480
     -0.2567724828
      0.5747325621
      0.5868377243
     -0.2913216904
     -0.1491054726
      0.2795797721
     -0.1236326841
     -0.3363132553
     -0.2602753436
     -0.4863593462
     -0.2757828417
      0.0968534053
     -0.2286333982
     -0.4416150669
     -0.0318370172
     -0.1450427118
      0.2711390324
      0.2628705199
      0.4967691030
      0.6368732225
     -0.0473525075
     -0.0238285493
      0.3567338718
     -0.2242589608
      0.1931783852
     -0.1999344842
      0.1933530817
      0.0766268000
     -0.0750549006
      0.2116277367
     -0.2166093434
      0.2359463848
      0.0206324575
      0.2221200600
     -0.0057193408
     -0.3000613338
     -0.1073705330
      0.0716792365
     -0.1756401450
     -0.1689348996
      0.0145797734
      0.1452319610
     -0.2324431414
     -0.3906797058
      0.2602540214
      0.0220715486
     -0.0077344219
     -0.2047726223
      0.2404021085
      0.2151654473
      0.1545238237
     -0.1030096855
     -0.0576280221
     -0.1191336655
     -0.0859516343
      0.0881835345
     -0.1116175823
     -0.2201625976
     -0.2046208594
      0.2185364214
      0.2331862958
      0.1645640791
     -0.0382379391
      0.0773345924
     -0.2125393205
     -0.2196980204
      0.0875015854
      0.1749914729
     -0.0710705714
      0.2236048956
     -0.2961539631
      0.2898353281
     -0.0950645057
      0.2085689989
      0.0373178766
      0.1262236701
     -0.1076038613
      0.1307789069
      0.1363929224
     -0.3405698682
      0.2963665798
      0.3155063883
      0.0422232982
     -0.1215353176
      0.1941540861
      0.2553293894
      0.1253023633
      0.0478757227
     -0.4332510434
      0.1325511579
      0.1572659123
     -0.1863703115
     -0.3513191881
     -0.2128929807
      0.0695773178
      0.1561556221
     -0.2512154480
      0.0711042380
      0.2768404944
      0.0886294773
     -0.2153996908
     -0.0139985167
      0.0478345714
     -0.2065947139
      0.1385192979
     -0.1961078020
     -0.2140697382
      0.2445197341
     -0.0758696260
      0.2337430664
     -0.0664814751
      0.0770321131
      0.1939732007
      0.1048544250
     -0.0785423963
     -0.1743025205
      0.1996269239
     -0.0597371654
     -0.2135932697
     -0.0811300967
      0.1621523167
      0.1129219519
      0.3535093760
     -0.2896658060
      0.2093673994
     -0.0657793126
     -0.0260538020
      0.1136150599
     -0.4249679264
      0.0024594950
     -0.1270160612
      0.1771937752
     -0.0734998989
      0.0802616558
     -0.1218723546
     -0.1739735522
      0.1294349921
      0.2405087581
      0.1979432961
      0.1463730122
      0.2394155991
      0.0611864758
      0.0168513371
      0.0866104863
      0.1834279618
      0.0115495317
      0.2580732903
      0.1436078623
      0.1450746109
      0.1528914573
     -0.0424247692
      0.1274489889
     -0.0371103868
     -0.1510115404
      0.0045260463
      0.1851899575
      0.0746408118
      0.0102750781
     -0.0972845758
      0.2024053826
      0.0986696501
     -0.1519556565
      0.2749038640
     -0.1967901806
     -0.2375621011
      0.2616867048
     -0.2307155613
     -0.2315379098
      0.0085214636
     -0.1145872734
     -0.0580430821
      0.2593576256
     -0.1153788458
     -0.2281372673
     -0.2234159857
     -0.0530155793
     -0.1404348593
      0.2055719996
      0.3305598220
      0.1485240264
      0.0645649744
      0.1173666165
      0.2102726500
     -0.1589378549
      0.2125795411
      0.2432425706
     -0.2134724878
     -0.1830987590
      0.2765898763
     -0.2731472689
     -0.0332560031
     -0.2543949305
     -0.1901546577
     -0.0922023332
     -0.1097260608
      0.2880759905
     -0.1993104447
     -0.1203537266
     -0.0294909573
     -0.1883158626
      0.0811676249
      0.2004025909
      0.1567782428
      0.1623886729
     -0.2946305851
      0.2400577480
      0.1988251639
     -0.2018114859
     -0.1418179763
      0.2079190659
      0.1650431310
     -0.2263107069
     -0.1716267606
     -0.2972370571
     -0.2095066868
      0.0699226590
      0.3028854555
     -0.2648372284
     -0.4076182519
     -0.1765718523
      0.0562229610
     -0.2798927354
      0.1314927823
     -0.1902848607
     -0.3106603728
      0.0154015982
     -0.1024861105
      0.0566583495
     -0.1138796423
      0.1577708929
      0.0178380089
      0.2852962643
      0.1675957729
      0.1957108620
      0.0300966900
     -0.1480717648
     -0.0590923350
      0.1144947188
     -0.1995434993
     -0.1148736752
      0.1070649995
      0.1603516281
     -0.1405928860
     -0.0003793926
     -0.0378086092
      0.2383879559
      0.2480674465
      0.1424555059
     -0.3844986675
     -0.4093487830
     -0.0840193556
     -0.2468208040
      0.2745861049
      0.2465321668
     -0.2778443835
      0.0925153209
      0.1048449801
     -0.2706300078
      0.1805262325
      0.2401396218
     -0.0016817627
     -0.1033198064
      0.1701606853
     -0.0612451623
      0.1581093908
     -0.1294230699
      0.3764350752
     -0.2236397287
      0.0773014020
     -0.0539378049
      0.3973053703
      0.1271312765
      0.0907736346
     -0.0445587626
      0.2356364436
     -0.1280274060
     -0.2004203793
      0.2592610625
      0.2046611396
     -0.1258812327
      0.0270250293
      0.2464480676
     -0.1815097710
      0.3985888716
     -0.0674134645
     -0.2660691197
      0.0123506722
      0.1232788885
     -0.1887652999
      0.1788757726
     -0.2589356505
      0.3115631836
      0.1205113963
     -0.1135387362
     -0.2787860862
      0.2013603232
     -0.2605677620
     -0.3606460690
      0.4710205778
     -0.2678430309
      0.1717170005
     -0.1393941903
     -0.3491749348
      0.1591493631
     -0.1914933269
     -0.1562177966
      0.0961493518
      0.4218005340
     -0.0815206789
      0.1622503835
      0.1158899418
      0.2579125716
      0.2400600476
      0.0143289358
      0.1930942144
     -0.0268252445
      0.1328764219
      0.0474230964
      0.0166962731
      0.0662826139
     -0.3364984257
      0.3132805219
     -0.1800724829
      0.0790251839
      0.2466819087
      0.1292406893
     -0.1579954886
      0.3778729798
     -0.0400959236
      0.0797322163
      0.1373833361
      0.4974181453
      0.1036289252
      0.1426409239
     -0.0964665522
      0.1730845183
      0.1329741243
     -0.4490132075
     -0.5565351143
     -0.3779647345
      0.2186648604
      0.0072258342
      0.0987794089
     -0.7069641340
     -0.5516828064
      0.0973218677
      0.0112104934
      0.3968684304
      0.0958198487
      0.2677559218
      0.2418649345
     -0.0913629481
      0.1253653798
     -0.4495196501
      0.2164173268
     -0.7166510489
     -0.1766767135
     -0.0991417667
     -0.3212033631
      0.0616262743
      0.1894871521
     -0.1159222964
      0.0529997275
     -0.1443459484
      0.2984494394
      0.2951562075
     -0.3843746028
      0.0902590899
     -0.2380568474
     -0.2569040870
      0.1970552938
      0.2938569893
     -0.0921694234
     -0.1004942832
      0.0493569784
      0.1937972365
      0.3954220975
     -0.2450787219
      0.1907603699
     -0.2584801834
     -0.1712402684
     -0.2676224405
      0.1534046790
     -0.0808222181
     -0.2675638739
      0.1201708219
      0.2065139484
      0.1315262568
     -0.1461549497
     -0.0175863333
      0.3032012667
     -0.7071081062
      1.2322290953
      0.0368304905
     -0.5228886974
      0.0481884807
      0.0497176654
      0.1558481555
     -0.0926378825
     -0.1272327730
     -0.5970938484
      0.0309311887
      0.1933639438
     -0.4019298086
      0.1213888277
     -0.4598020149
     -0.2762526908
      0.4607258836
     -0.2586308092
      0.3171174943
     -0.4887574202
     -0.1641980696
      0.0392008952
     -0.3988190057
     -0.5621829253
     -0.0242787511
      1.1056173507
      0.5452564295
     -0.4031368361
     -0.3610162287
      0.0896754093
     -0.0782416092
      0.4642653135
     -0.1758179043
      0.0989827255
     -0.1050446623
      0.1106672187
     -0.4487440741
     -0.2235009398
     -0.1566902638
      0.4875172893
      0.0106857886
      0.2532496584
      0.0319893089
      0.5252797766
     -0.3222068745
     -0.2048517253
     -0.1578747627
      0.1550767288
      1.1366778506
     -1.4252980984
      0.3038388693
      0.1281879705
      0.1964904848
     -0.0060277674
     -0.1871975421
      0.2415540406
     -0.1882544885
      0.7809219883
     -0.3841544716
      0.0196509318
      1.1978800163
     -0.1071250020
      0.2896021684
      0.1222459355
      0.4162240344
      0.0324007663
      0.0824216252
      0.2402581228
      0.1748419991
      0.1903450944
     -0.1296000679
     -0.3061885744
      0.0344616292
     -0.1564754504
      0.1373888147
      0.1337952877
      0.0044417678
      0.3099405067
      0.0774259270
     -0.0744739326
      0.1591011152
     -0.3057955376
     -0.2823858222
     -0.2662643829
      0.0101203409
      0.2343188097
      0.2631599489
     -0.1802677909
      0.1747679168
      0.0583258595
     -0.1271078124
     -0.0412192181
      0.0938030389
     -0.2047856576
     -0.0786485740
      0.2392911994
     -0.0353516963
      0.1934663900
     -0.1369444944
     -0.2492742276
      0.2706734015
     -0.1741337965
      0.2637584345
     -0.2394216365
     -0.0832140925
     -0.2868138275
      0.0084577683
     -0.2690895382
      0.0629403013
     -0.1189300908
     -0.0187151653
      0.2413106381
      0.0914936124
     -0.1498523929
      0.2670703120
      0.3784582059
      0.3013515736
     -0.1757947027
      0.0205505785
     -0.2667681430
      0.6956981111
     -0.6331831081
      0.2929627727
     -0.1719466439
      0.1698737067
      0.2835730045
      0.2988597689
     -0.0246361293
      0.2856356301
      0.0822566966
     -0.1358532658
     -0.1620952081
      0.4182238964
     -0.1829240168
      0.1038870203
      0.3323661344
     -0.2706293632
     -0.0309421825
      0.1604241214
      0.1655775470
     -0.0133499771
     -0.0194778532
      0.2759076603
     -0.1763722836
     -0.0812454112
      0.1530262121
      0.3387213499
      0.1486150164
      0.3091691548
      0.1666874928
      0.0374993364
      0.3426031446
      0.3021728852
      0.0336767353
     -0.1020078783
      0.0240473727
     -0.2747932279
      0.1777920430
      0.1105174997
     -0.2432045877
      0.2444142626
     -0.1424243453
      0.1374445790
     -0.3320291259
      0.0481028742
      0.2228615197
     -0.0397705382
     -0.1540096601
      0.2025853542
      0.0271754726
      0.0481373979
      0.2525966105
     -0.2205174082
      0.1182151326
     -0.1523111404
      0.2986705619
     -0.1027609052
      0.1729821202
      0.1950625522
      0.0380765697
     -0.2001550004
     -0.2110089122
      0.1263881139
      0.0731563632
      0.0297794200
     -0.0606718444
      0.2234686230
      0.4488389362
      0.1406489302
     -0.3915719483
      0.1989682420
     -0.0161526547
      0.5875366478
     -0.2462701018
     -0.0119914017
     -0.0491499148
      0.1510110845
     -0.2669639332
     -0.1133238852
      0.3095190561
     -0.0799778260
      0.3599893001
      0.1446383910
     -0.0803478531
      0.0846172355
     -0.1037434000
     -0.2626617361
      0.1121552523
     -0.1281133374
      0.2669296634
     -0.3171389473
      1.0225897272
      0.1011716852
      0.0332925621
     -0.0844685229
      0.0772820498
      0.4412473366
     -0.5307538071
     -0.3832486195
      0.2757049188
      0.1498958792
      0.2461919280
     -0.0415466796
      0.0747384209
      0.1334139924
      0.4509555881
      0.0335680230
      0.1460964252
      0.7674055160
      0.1418106282
     -0.1405359620
      0.2684691101
      0.1174020047
      0.1988602064
     -0.3359090496
      1.1262075810
      0.0389416498
     -0.2795637009
     -0.1729979408
     -0.3113633372
      2.6877519440
     -3.1980428951
      0.1119348119
      0.2113693226
     -0.1311985854
     -0.2095062155
      0.2797830364
      0.2134288799
     -0.1283702472
      1.7641518850
      0.0806957566
     -0.1500607731
      1.9848188074
      0.5660735227
      0.2349463860
      0.2796442598
      0.2131021464
      0.2972636412
      0.2499240150
      0.0274323154
      0.0289528907
      0.1534688766
     -0.2603967566
      0.2724215221
     -0.0111480114
      0.1899758531
     -0.0286764763
     -0.0386588152
      0.2587962158
     -0.3138325972
     -0.2425307792
     -0.1736334394
     -0.1539953354
     -0.2800093074
      0.1322406773
     -0.1913194750
      0.0531392664
      0.0675293946
     -0.1404446756
     -0.1067677899
     -0.2183759469
      0.2251494169
     -0.2096356090
     -0.0960341326
     -0.0232682100
     -0.2666805114
      0.2082217399
     -0.3854203280
      0.0480679165
      0.2928332174
      0.3641582952
      0.1507108447
      0.2029589128
      0.2310264086
      0.0483631259
      0.0330000644
      0.0263645304
      0.0082824437
      0.2849852466
      0.2278898401
      0.1562748480
     -0.1204324813
     -0.2556522636
     -0.1508242515
     -0.1211978393
      0.0160999212
      0.2673272109
     -0.0936780817
      0.2813339162
     -0.1615694709
      0.0104678206
     -0.0466860389
      0.3158845470
     -0.1510268573
      0.1515511830
     -0.3097000152
     -0.1680753722
      0.0116146631
     -0.1979637521
      0.1939893445
     -0.2989630265
      0.4452278545
      0.1525788603
     -0.1292952004
      0.0926910878
     -0.2754227837
     -0.2191875251
     -0.0198556911
     -0.2483775193
     -0.1965077473
      0.2062188618
      0.0299821670
     -0.0443312272
     -0.1357843369
     -0.1756796577
      0.1522390363
      0.2366331045
     -0.1456413964
      0.1629750623
     -0.0099740586
     -0.1339417557
      0.2276194695
      0.2785750251
      0.0440263655
      0.2089302113
      0.4098354752
      0.1324605726
     -0.2189097932
      0.4505279442
      0.2748684052
     -0.2576338194
      0.0925015396
     -0.0921377213
      0.2764260655
      0.1247889010
      0.2258043124
     -0.0024158909
     -0.2738937120
      0.1044996320
      0.0978596985
     -0.1881526748
     -0.0914384639
      0.3518551338
      0.3147201107
     -0.0132854567
     -0.0328703437
     -0.0782593618
      0.2639414178
     -0.1824605316
      0.0425433485
     -0.1125530249
      0.1922932824
      0.1553556512
      0.1171975461
      0.1069253834
      0.1445100683
      0.0952534112
      0.0007485125
     -0.0801977055
     -0.3747530572
      0.0377633151
      0.1720337525
     -0.1619494046
     -0.3335269548
      0.0290687624
      0.3222346142
      0.1917414262
      0.0760144237
     -0.1144811302
      0.0762847078
     -0.0444055499
      0.1595903595
      0.2381237269
     -0.1977907719
     -0.1350471383
      0.1857718398
     -0.6393473252
     -0.3897689353
      0.1381160029
     -0.1393815030
     -0.3811242972
     -0.1619890341
     -0.1487781866
     -0.0304441897
      0.0235873313
     -0.3462860194
      0.2891589654
      0.0874457925
     -0.5017256175
      0.5138368389
      0.3492685396
     -0.0855682479
     -0.3012500211
     -0.0815895791
     -0.2395133521
      0.0629520278
     -0.0850865728
     -0.3024774810
      0.2614844221
      0.2933355158
     -0.5830277827
     -0.0079401103
     -0.2239562062
      0.2798103322
     -0.1728802091
      0.0556492490
      0.1889904004
      0.1807771066
     -0.0713798268
     -0.2302355000
     -0.3414773073
      0.1192750415
     -0.0437686937
      0.1622327581
      0.1040298362
     -0.2458586196
      0.1208659089
     -0.2910240102
     -0.0383566261
      0.2259758584
     -0.0714119509
     -0.1063819730
      0.0216346809
     -0.0183995424
      0.0749533553
      0.0004758932
     -0.0249030402
      0.2386359801
      0.2088142048
     -0.2041004587
      0.9758219282
      0.5590783956
     -0.1267999356
      0.7467056692
      0.3343173710
      0.1012517872
     -0.0421905978
     -0.3499231774
      0.6556738743
      1.1597891144
      0.9611878983
     -0.1366891237
     -0.9849075664
      0.7621368027
      0.6281868096
      0.1595064806
      0.2114780065
      1.0373591057
     -0.0916742482
     -0.2603097178
     -1.0127925433
     -0.5488347278
     -0.4296978703
     -1.2443364456
      0.3942502574
      0.7730364252
      0.0711693208
     -0.1024416382
      0.2788755757
     -0.2896314312
      0.5692865487
     -0.5121066558
     -0.5470808821
      0.6795640588
      0.4647572843
     -0.0358729856
      0.5737719063
      0.4275013534
     -0.3263840909
     -0.1480788914
      0.0137150869
      0.3676511094
      0.0546664550
      0.4656456242
      0.4092553550
      0.1671577831
      0.0376973829
     -0.1939451962
     -0.7477866015
      0.2033709732
     -1.1161234827
      0.1110525715
     -0.4864971263
     -0.7292721284
      0.2105415377
      0.1085013363
      0.3842697620
      0.5192698877
      0.0624357974
     -0.9456458424
      0.0600301041
      0.1706613834
     -0.3419471343
      0.2897727966
      0.3983770860
     -0.3708534436
      0.5236926020
     -0.3470913744
     -0.4310613522
      0.1236444833
     -0.1727322289
     -0.1357667539
      0.1809756096
      0.3179889516
      0.0704825737
      0.2269727967
     -0.3057995310
     -0.2298471973
      0.3606648382
     -0.0618365564
     -0.6151130291
      0.3261801730
     -0.2021182537
     -0.4530781559
      0.2179555453
      0.0268998571
     -0.1033786205
     -0.3589273859
      0.3064469616
      0.2749431025
      0.0844024186
     -0.5299026254
      0.1289065318
     -0.0846664111
      0.3902128230
     -0.5366436705
      0.5016574029
      0.4809323687
     -0.8173050275
      0.1347660096
      0.0892379576
      0.0167787480
      0.6520549633
     -0.1786103603
      0.2246805656
     -0.1698762401
     -0.3795567444
      0.3347004941
     -0.0829685213
      0.6172422333
     -0.0222953027
     -0.3239171780
     -0.5834969194
     -0.4301872897
     -0.6827816822
      0.1207745508
     -0.5896733573
      0.4958317836
      0.4400446861
     -0.3911482610
      0.0281054090
      0.5322359521
      0.5552014228
     -0.6163811396
     -0.7340518293
      0.2500189352
     -0.6405553424
     -0.5585350881
      0.1411640120
      0.2689839802
      0.3180648515
     -0.2465370466
     -0.0487923877
      0.0385544563
      1.0685555774
     -0.1166813643
     -0.1027066495
      0.4294978171
     -0.2828051916
     -0.7016445909
      0.3755085909
     -0.4046063321
      0.8617260913
     -0.4681628405
     -0.4915309330
      0.3829761141
      0.5290584642
     -0.3294713265
     -0.7763095412
     -0.3818984530
      0.5493523305
     -0.3227851406
     -0.2257184824
      0.4291050262
     -0.4841329869
     -0.2289114393
     -0.3611249678
     -1.0911105336
      0.3910990373
      0.4169473538
      0.1997807710
      0.0826249872
     -0.3006849955
      0.5063444963
      1.0113712074
     -0.9741553933
      0.1846490080
     -0.4537536793
     -0.5367791544
      0.9128035593
     -0.7500719891
      0.6975764607
     -0.2374454144
     -0.5189615842
     -0.5804744489
      0.5624600498
      0.3675021808
      0.3425859546
      0.0500546911
     -1.5397231150
     -0.4347002157
     -1.3310822329
      0.5422552657
      0.5712850157
      0.3444984004
     -0.2998460071
     -0.1166166999
     -0.3327101420
      0.0190898604
     -0.3623536142
      0.1579174692
      0.3055302515
      0.8069482642
      0.6174186442
      0.5275453469
      0.3853119433
      0.4978308714
      0.6147399144
      0.7730124553
      0.1982762347
      0.4770617448
     -0.5660769216
     -0.3687804336
      1.4615258624
      0.9688918750
      0.0170604711
     -0.2414740794
      0.3458221331
     -0.3269714228
      0.1179156582
     -0.1748784618
      0.4950845613
     -0.3534710767
     -1.0205371140
      1.1984591454
     -0.4114659691
      0.5757543692
     -0.2389947860
      0.4887961877
      0.5126640236
      0.6331681414
     -0.4170961781
      0.7721666629
      0.0636291135
      0.4363445620
     -0.1739979329
      0.1517513398
     -0.0563286709
     -0.1679132927
      0.2078767763
     -0.6314212997
     -0.4440711371
     -0.3586770679
     -0.0826158988
     -0.6054860380
      0.2590948276
     -0.3071142477
     -0.8930913880
     -0.1897485736
     -0.0976981862
     -0.6504106702
     -0.5433924721
     -0.0908357000
     -0.1320167565
     -0.5630274886
     -0.1340187732
      0.8933790055
     -0.1985900379
     -0.2652889214
      0.2648536523
     -0.3475629783
     -0.3018109196
      0.3427731290
     -0.2805621563
     -0.0087770226
     -0.2095548007
     -0.4393567891
      0.0171249658
     -0.0800855049
     -0.7057096537
     -0.6107826478
     -0.2695168699
     -0.3693726832
     -0.2487109771
      0.2389889843
     -0.4804454437
      0.0043522130
      0.2337118722
     -0.2594717871
      0.4164870059
      0.1367720750
      0.3741626830
     -0.0544367604
      0.5694788753
     -0.2708634839
      0.6949256361
      0.2344389322
      0.6519199028
      0.2631977295
      0.9334215017
     -0.1345571451
     -0.3551909942
      0.0738632655
      0.5952250038
     -0.1034613104
     -0.4093776804
      0.2835656241
      0.5699125350
     -0.0525405013
     -0.2364381082
      0.2151464550
      0.2670635505
      0.5245088981
      0.6215794875
      0.3622863050
      0.2979394196
     -0.0999129009
      0.3996593353
      0.0221619913
      0.0844306954
      0.3941410738
      0.1338182289
      0.1490812490
     -0.1293340067
      0.1772509333
     -0.3482521717
     -0.2354231720
     -0.5232996222
     -0.1508772881
     -0.1209595186
      0.0472468412
      0.1987908728
     -0.0766224157
      0.1785762349
     -0.4255103452
     -0.3683778693
     -0.3907129623
     -0.5792700660
     -0.3345658535
      0.5488716938
     -0.1253299427
     -0.1937000974
     -0.4236880675
     -0.5034955382
      0.7321201710
      0.3687719270
     -0.2735301660
     -0.1369432469
      0.8697600011
     -0.5370527461
      0.4540826211
     -0.3603875196
      0.4351018069
      0.2415127435
      0.0653737306
     -0.3055553979
      0.0440311056
      0.1985129211
     -0.3685212416
     -0.3350267486
      0.3814941003
     -0.5974010034
      0.0651741949
      0.5932609298
      0.0273660621
     -0.1088333584
     -0.1751703165
     -0.2644926361
     -0.3571771576
     -0.9083556578
      0.2878506472
      0.8767352367
      0.4842450764
     -0.6803222512
     -0.1905149552
      0.2958915879
      0.1317702329
      0.3328697761
      0.1358564190
     -0.1092826004
     -0.5544004043
      0.2226210896
     -0.5253537218
      0.5554492715
      0.0829517133
     -0.1101421405
     -0.1257676543
     -0.2355828689
     -0.2865096259
     -0.9854640517
      0.4979316026
      0.4987682366
     -0.3874941019
      0.1946290593
      0.0473742960
      0.0660626656
      0.0483728490
     -0.3288716151
      0.3416544675
     -0.1885266884
     -0.5618437313
     -0.6596336223
      0.3251701052
     -0.1420501759
     -0.2238649451
     -0.4118084830
     -0.3507042492
     -0.5426823601
     -0.7240926443
     -0.1806179924
      0.0780382386
     -0.3480162939
     -0.2630698138
      0.1337217494
     -0.2439553661
     -0.3972893663
     -0.5982372221
     -1.3419163978
      0.5495556829
     -0.7300971761
     -0.0918529168
      0.6405262157
     -0.5497483297
      0.0712964205
     -0.2844864375
      0.0940524462
      0.1479272548
     -0.7214796571
     -0.5163935138
      0.2756389467
      0.1154122826
     -0.0792778634
     -0.0627869766
     -0.7443343204
     -0.5567080120
     -0.6505927407
      0.5328410767
     -0.0551031269
      0.4381779610
     -0.6562602115
     -0.5586391060
      0.1906956400
     -0.3233889375
     -0.3539122965
     -0.3241947041
     -0.1685733518
     -0.1259289440
      0.1207511255
      0.3037751582
     -0.5012901452
     -0.0611532245
      0.0640505829
     -0.6271585706
     -0.1711900195
      0.0987364924
     -0.5280306950
      0.0382539112
     -0.0409888619
     -0.3446164631
     -0.7201561725
     -0.4260541157
     -0.2194463649
     -0.2871853006
      0.2629728809
     -0.7754638975
      0.0721533534
      0.3938814352
      0.4074109770
     -0.0265894179
      0.1718487775
     -0.1325540516
      0.2186819019
      0.1927003624
      0.1211082549
      0.4168501940
      0.0987846002
     -0.4776887317
     -0.2890377488
      0.0587422326
     -0.1382864069
     -0.4371718622
     -0.6416567815
      0.5796409676
      1.1027302278
      0.1257933502
      0.0369035570
     -0.2729257144
     -0.9891707282
      0.9412975880
      0.5485967376
     -0.1982982348
     -0.1879913433
     -0.0920469979
      0.1830559532
     -0.2739956720
     -0.8927491766
     -0.3081144830
      1.0000586949
      0.1207964872
     -0.0459884887
     -0.5714205201
      0.3884796072
      0.1333832412
      0.1833881879
      0.1133695791
     -0.1039787592
     -0.2559146688
      0.1680571944
      0.2555158213
      0.0881295677
     -0.5022962310
     -0.0164159581
     -0.4422572688
     -0.6464956572
      0.4993639170
      0.1692907526
     -0.4204685362
     -0.4828818657
     -0.3108824141
     -0.4393582782
      0.1321837548
     -0.7407160723
     -0.5346152449
      0.2706416234
      0.4643116747
      0.2516996424
     -0.0867676863
      0.1999408934
     -0.4538470819
     -0.4552016175
     -0.6665728385
      0.9594122406
     -0.6388677697
      0.3813973797
      0.0979746469
     -0.7573314652
      0.0782949555
     -0.2702061176
     -0.0947451609
     -0.3326309345
      0.2743380517
     -0.1025012623
      0.8044395310
     -0.0796917590
      0.6415984221
      0.5704527596
     -0.3077037515
     -0.0577121467
      0.0381539199
     -0.0023739815
     -0.6788794461
      0.4464508159
     -0.8217439665
     -0.4281005541
      0.7686681223
     -0.4393744680
      0.1917098628
     -0.3505005268
     -0.1065161766
      0.3441983519
      0.6355415077
     -0.7344815757
      0.4110653312
      0.0877000009
     -0.4344004487
      0.3213795203
     -0.1525538876
     -0.4029531936
     -0.3165237357
      0.2682109573
     -0.1144097672
     -0.6003327874
     -0.7864034578
     -0.5480774271
     -0.1918984021
     -0.2805096378
     -0.5496190830
     -0.3893299952
      0.3948191038
      0.5386350360
      0.2967787520
      0.8927503621
     -0.1651050772
     -0.0588840578
     -0.0676764964
      0.6150109477
     -0.3266879520
      0.6752188227
      0.4596881187
     -0.0418999762
     -0.2221065495
      0.1186356630
     -0.4292740066
     -0.7077758342
      0.1404816366
      0.2738676197
     -0.2327225268
      0.1728712221
     -0.4245566124
      0.5743756029
      0.3655713173
     -0.1304687224
     -0.4307243942
     -0.4288460642
     -0.2076942881
     -0.2874606095
     -0.5402330237
      0.0700339929
     -0.0319719404
      0.4178266730
     -0.8176873478
      0.5967317885
      0.0393039843
     -0.2552358434
      0.3992729903
      0.1644768542
     -0.4864098028
      0.2936338817
     -0.3970742010
     -0.3437147006
     -0.6453857255
      0.9163281023
     -1.3542222749
      1.1230957620
      0.9402175440
     -0.4258667587
     -0.6684389026
      0.4792125302
      1.5073701920
     -0.0492578338
      1.5278355152
     -1.1994047609
     -1.0748229634
     -1.2295929044
     -0.9482541007
     -0.4774769511
     -1.4439033922
      1.3585288054
     -0.1610892354
      0.8752023215
      0.1630464935
      1.1052929164
     -1.0175375491
      0.4333491131
      0.2203658016
      0.1242328168
      0.0384785895
     -0.0334980166
     -0.0683427795
     -0.0950135433
     -0.1183664388
     -0.0841559596
      0.0485776768
     -0.1570945537
      0.0600433800
      0.4737687851
     -0.1440575286
      0.3045962531
     -0.1625919467
      0.1415877335
     -0.0749481440
     -0.0200505185
     -0.0388143291
      0.1167368663
     -0.0157064149
     -0.1010605005
      0.0763382001
      0.0347609707
      0.2562645372
