################################################################################
# Neural network connection values (weights and biases).
################################################################################
# Col  Name       Description
################################################################################
# 1    connection Neural network connection value.
# 2    t          Connection type (a = weight, b = bias).
# 3    index      Index enumerating weights.
# 4    l_s        Starting point layer (end point layer for biases).
# 5    n_s        Starting point neuron in starting layer (end point neuron for biases).
# 6    l_e        End point layer.
# 7    n_e        End point neuron in end layer.
################################################################################
#                      1 2         3     4     5     6     7
#             connection t     index   l_s   n_s   l_e   n_e
############################################################
 -1.0428561796637459E+00 a         1     0     1     1     1
  6.2379138095365905E+00 a         2     0     1     1     2
  1.0483630046444338E+01 a         3     0     1     1     3
  1.2581567191995431E+00 a         4     0     1     1     4
  4.9049829336486743E+00 a         5     0     1     1     5
 -1.2055876828256450E+01 a         6     0     1     1     6
  1.5122140305374130E+00 a         7     0     1     1     7
 -3.4036045748318369E+00 a         8     0     1     1     8
  5.6832803650800268E-01 a         9     0     1     1     9
 -7.8081159818922954E+00 a        10     0     1     1    10
 -3.6888322677335450E-01 a        11     0     1     1    11
 -4.4995337792787202E+00 a        12     0     1     1    12
 -1.0616420321351585E+01 a        13     0     1     1    13
  1.1536592637453165E+01 a        14     0     1     1    14
  4.7088954149536483E-01 a        15     0     1     1    15
 -6.1107253626565958E+00 a        16     0     1     1    16
 -7.1767811506380186E+00 a        17     0     1     1    17
 -1.7520834965716459E-01 a        18     0     1     1    18
 -1.0926600402186935E+01 a        19     0     1     1    19
 -1.9680597970950849E+01 a        20     0     1     1    20
 -1.7767489198982176E+00 a        21     0     1     1    21
  9.6849727899680449E+00 a        22     0     1     1    22
 -4.5374839135973309E-02 a        23     0     1     1    23
  5.8882088279286260E-01 a        24     0     1     1    24
 -8.7854922405356095E-01 a        25     0     2     1     1
 -6.2970476944350640E-01 a        26     0     2     1     2
 -2.7825137726640881E-01 a        27     0     2     1     3
 -8.9208146434888683E-02 a        28     0     2     1     4
 -4.3157571837429309E-01 a        29     0     2     1     5
 -7.0878249273769944E-01 a        30     0     2     1     6
 -8.2169290567844522E-01 a        31     0     2     1     7
 -2.1816459973947946E-01 a        32     0     2     1     8
  1.9418060147807610E+00 a        33     0     2     1     9
  1.7451591874322274E+00 a        34     0     2     1    10
  1.0458747375914645E+00 a        35     0     2     1    11
 -1.1726306943527929E+00 a        36     0     2     1    12
 -1.0651524568773936E+00 a        37     0     2     1    13
  1.1272461990316691E+00 a        38     0     2     1    14
 -1.9228597654749084E+00 a        39     0     2     1    15
  5.1524823215210069E-01 a        40     0     2     1    16
 -1.7064691747284055E+00 a        41     0     2     1    17
  5.5127556769075506E-02 a        42     0     2     1    18
 -8.5339958725217135E-01 a        43     0     2     1    19
 -5.9389479458133598E-01 a        44     0     2     1    20
 -2.5094066505671409E-01 a        45     0     2     1    21
  5.9064060477513758E-01 a        46     0     2     1    22
  1.4410490308558475E+00 a        47     0     2     1    23
 -1.1813187472508666E+00 a        48     0     2     1    24
 -3.4884549232093232E-01 a        49     0     3     1     1
 -8.1174548065115448E-01 a        50     0     3     1     2
 -2.5468437812788952E-01 a        51     0     3     1     3
 -2.7072594878287881E+00 a        52     0     3     1     4
 -8.5899149061006053E-01 a        53     0     3     1     5
 -1.9922449495236476E+00 a        54     0     3     1     6
 -1.1400925341804971E+00 a        55     0     3     1     7
  1.9324775792386669E-02 a        56     0     3     1     8
 -9.7631103092579619E-01 a        57     0     3     1     9
  1.3704623828897888E+00 a        58     0     3     1    10
 -9.0054198560719156E-01 a        59     0     3     1    11
  1.0404627538814444E-01 a        60     0     3     1    12
  1.7384500208168197E+00 a        61     0     3     1    13
 -7.0785827679500768E-01 a        62     0     3     1    14
 -4.6025243012064770E-01 a        63     0     3     1    15
  3.6515478714403243E-01 a        64     0     3     1    16
  5.4321789748788396E-01 a        65     0     3     1    17
 -4.5897413101012929E-01 a        66     0     3     1    18
  1.7460411824874120E+00 a        67     0     3     1    19
  2.1290007350331774E+00 a        68     0     3     1    20
  1.1455903661001787E+00 a        69     0     3     1    21
 -1.5567041037842331E+00 a        70     0     3     1    22
 -1.2709823696639273E+00 a        71     0     3     1    23
  1.9244994488590650E+00 a        72     0     3     1    24
 -2.1783964573744208E-01 a        73     0     4     1     1
 -1.2579759522991780E+00 a        74     0     4     1     2
  8.8976349786114073E-01 a        75     0     4     1     3
 -3.7646311666362418E-02 a        76     0     4     1     4
  1.8032926397526794E-01 a        77     0     4     1     5
  4.0468631507823949E-01 a        78     0     4     1     6
 -1.9389319280328773E-01 a        79     0     4     1     7
  2.4302872109155271E-01 a        80     0     4     1     8
 -1.6267599704693607E+00 a        81     0     4     1     9
 -4.7019228586014333E-01 a        82     0     4     1    10
 -1.4466078117741779E-01 a        83     0     4     1    11
  1.0011346326095170E+00 a        84     0     4     1    12
  1.7516302756207303E+00 a        85     0     4     1    13
  6.6831362176855758E-02 a        86     0     4     1    14
  1.0975147489517174E+00 a        87     0     4     1    15
  2.2486927269281562E-01 a        88     0     4     1    16
  1.2593767117770156E+00 a        89     0     4     1    17
 -2.2155504430115203E-01 a        90     0     4     1    18
  1.5321653802463009E+00 a        91     0     4     1    19
  1.1664469682557399E+00 a        92     0     4     1    20
  7.3512847107713974E-01 a        93     0     4     1    21
 -5.0440904256053132E-01 a        94     0     4     1    22
 -1.2032498169523196E+00 a        95     0     4     1    23
  1.0646386288524914E+00 a        96     0     4     1    24
  1.5379392150418111E-01 a        97     0     5     1     1
  8.9884273264322545E-01 a        98     0     5     1     2
  8.0756506748248336E-01 a        99     0     5     1     3
  1.2738346685683095E+00 a       100     0     5     1     4
  1.7643329106860473E+00 a       101     0     5     1     5
  1.6910305931577578E+00 a       102     0     5     1     6
 -2.2197253901997427E-01 a       103     0     5     1     7
 -1.1912893457334572E-01 a       104     0     5     1     8
  1.0952686155311260E+00 a       105     0     5     1     9
 -1.4170533251375168E+00 a       106     0     5     1    10
  1.2335672913104436E+00 a       107     0     5     1    11
  3.5396566388122519E-01 a       108     0     5     1    12
 -2.1560722817231786E+00 a       109     0     5     1    13
  4.9659652133449672E-01 a       110     0     5     1    14
 -1.2166274351706823E+00 a       111     0     5     1    15
 -1.6982565029000549E-01 a       112     0     5     1    16
 -7.8728115417972100E-01 a       113     0     5     1    17
 -2.3787816380194138E-01 a       114     0     5     1    18
 -1.9140468320740247E+00 a       115     0     5     1    19
 -2.6144359445553378E+00 a       116     0     5     1    20
 -3.3197442832428897E-01 a       117     0     5     1    21
  1.3980504809805925E+00 a       118     0     5     1    22
  1.4421545027580029E+00 a       119     0     5     1    23
 -1.3950908172048664E+00 a       120     0     5     1    24
 -3.3294628354042842E+01 a       121     0     6     1     1
 -2.9953654344630976E+01 a       122     0     6     1     2
  2.3684183298017079E+01 a       123     0     6     1     3
 -1.2572585943751777E+01 a       124     0     6     1     4
  3.6734226975836854E+01 a       125     0     6     1     5
 -7.3653985158672288E+00 a       126     0     6     1     6
  1.0515228991256109E+01 a       127     0     6     1     7
 -2.4841311878728106E+01 a       128     0     6     1     8
 -3.5058435087622065E+01 a       129     0     6     1     9
 -3.2102746129907402E+01 a       130     0     6     1    10
 -2.0186229516338114E+00 a       131     0     6     1    11
  2.3850195980842759E+01 a       132     0     6     1    12
 -4.5251666502953505E+00 a       133     0     6     1    13
 -2.2733043183819419E+01 a       134     0     6     1    14
 -5.1000290527036478E+00 a       135     0     6     1    15
 -1.5888965146113707E+01 a       136     0     6     1    16
  3.3321631239574856E+01 a       137     0     6     1    17
 -2.3369277749911330E+01 a       138     0     6     1    18
  1.6458270036241910E+01 a       139     0     6     1    19
  3.4236511796622842E+01 a       140     0     6     1    20
 -4.1233458564556088E+01 a       141     0     6     1    21
 -4.6907794045034423E+00 a       142     0     6     1    22
 -2.5523969024349864E+01 a       143     0     6     1    23
 -4.6889428227902776E+00 a       144     0     6     1    24
 -9.3266480529993157E+00 a       145     0     7     1     1
  5.4739790203052676E+00 a       146     0     7     1     2
  1.8916411947910161E+00 a       147     0     7     1     3
  2.2779667723536392E+01 a       148     0     7     1     4
 -8.8320355038376483E+00 a       149     0     7     1     5
  1.3097059681027989E+01 a       150     0     7     1     6
 -5.3411618673839875E+01 a       151     0     7     1     7
  3.1160716255204722E+01 a       152     0     7     1     8
  1.7005971103690438E+01 a       153     0     7     1     9
  1.5769456882657934E+01 a       154     0     7     1    10
 -1.1966382228703971E+01 a       155     0     7     1    11
  3.5200234969501643E+01 a       156     0     7     1    12
  2.1138427692980656E+01 a       157     0     7     1    13
 -1.3676927501785284E+01 a       158     0     7     1    14
 -1.1180559064961628E+01 a       159     0     7     1    15
  7.2531923145949107E-01 a       160     0     7     1    16
  1.3921499711404403E+01 a       161     0     7     1    17
 -1.2103529041351615E+01 a       162     0     7     1    18
  2.2577105622341680E+01 a       163     0     7     1    19
  6.0978899520722578E+00 a       164     0     7     1    20
 -4.1724116560976682E+01 a       165     0     7     1    21
  1.0879131726427497E+01 a       166     0     7     1    22
  4.6147846271034709E+01 a       167     0     7     1    23
  2.9966622732447483E+00 a       168     0     7     1    24
  2.5454120164893460E+01 a       169     0     8     1     1
  4.7810494445372804E+01 a       170     0     8     1     2
 -5.3932076233176986E+01 a       171     0     8     1     3
  4.2947697724063573E+01 a       172     0     8     1     4
  1.9939718592780519E+01 a       173     0     8     1     5
  3.2349667361566596E+01 a       174     0     8     1     6
 -8.1190189290647607E-01 a       175     0     8     1     7
  2.5741058703402107E+01 a       176     0     8     1     8
  5.5993282251056209E-01 a       177     0     8     1     9
  1.9383538071004203E-01 a       178     0     8     1    10
  1.2286528455955863E+00 a       179     0     8     1    11
  4.5497440040111002E+01 a       180     0     8     1    12
  6.0977391755172903E+00 a       181     0     8     1    13
  3.7157313567644081E+00 a       182     0     8     1    14
 -1.4617927128166470E+00 a       183     0     8     1    15
  6.5171581994860105E+01 a       184     0     8     1    16
 -1.3858005975454240E+01 a       185     0     8     1    17
  1.2582831045829545E+01 a       186     0     8     1    18
  4.7434796562071480E+00 a       187     0     8     1    19
  2.8675630534577497E+01 a       188     0     8     1    20
  7.6515178641802439E+00 a       189     0     8     1    21
  6.0874735904312933E+00 a       190     0     8     1    22
 -6.3652802813984080E+00 a       191     0     8     1    23
 -5.5473996810982360E+00 a       192     0     8     1    24
  1.1048704403606569E+01 a       193     0     9     1     1
  4.4728160349551773E+00 a       194     0     9     1     2
 -5.2383507994679192E+01 a       195     0     9     1     3
  9.6870081267973926E+00 a       196     0     9     1     4
  4.0404421804728671E+01 a       197     0     9     1     5
  1.6963925611782354E+01 a       198     0     9     1     6
  5.5140278048413236E+01 a       199     0     9     1     7
 -3.7199441042619064E+01 a       200     0     9     1     8
  6.1213570868397416E-01 a       201     0     9     1     9
 -2.9302458017138541E+01 a       202     0     9     1    10
  1.7378810868312342E+00 a       203     0     9     1    11
  1.9085164992582996E+01 a       204     0     9     1    12
  2.4634142537032768E+00 a       205     0     9     1    13
 -1.3543858356308670E+01 a       206     0     9     1    14
 -1.6965922643902626E+01 a       207     0     9     1    15
  4.5410781714603523E+01 a       208     0     9     1    16
 -1.4509049372405434E+01 a       209     0     9     1    17
  1.1758900474595311E+01 a       210     0     9     1    18
  8.4265876848320449E+00 a       211     0     9     1    19
  2.5902902608107429E+01 a       212     0     9     1    20
  2.5293251709208281E+01 a       213     0     9     1    21
 -2.4502060170294850E+01 a       214     0     9     1    22
 -2.9914180396161939E+01 a       215     0     9     1    23
 -3.3243059609946194E+01 a       216     0     9     1    24
  2.2794991658668859E+00 a       217     0    10     1     1
  1.9684418140228528E+00 a       218     0    10     1     2
 -2.4141541878150563E+00 a       219     0    10     1     3
 -1.3317558867371111E+00 a       220     0    10     1     4
 -4.8288957370724033E+00 a       221     0    10     1     5
 -1.7500601376150235E+00 a       222     0    10     1     6
 -1.9872777240658726E+00 a       223     0    10     1     7
  4.2464705155115396E+00 a       224     0    10     1     8
  7.5464302375706813E+00 a       225     0    10     1     9
  8.7558253607474636E+00 a       226     0    10     1    10
  3.0059522734445081E+00 a       227     0    10     1    11
 -3.3981923107556531E+00 a       228     0    10     1    12
  6.5107890265973789E-01 a       229     0    10     1    13
  3.2718136131988840E+00 a       230     0    10     1    14
 -2.1179087067726940E+00 a       231     0    10     1    15
  1.4014441542980942E+00 a       232     0    10     1    16
 -4.5603982578070292E+00 a       233     0    10     1    17
  3.4394059776180277E+00 a       234     0    10     1    18
  1.2758341389848149E-01 a       235     0    10     1    19
 -1.5979465285560015E+00 a       236     0    10     1    20
  5.9909433905262999E+00 a       237     0    10     1    21
  4.7517899341516072E+00 a       238     0    10     1    22
  5.6121157442222698E+00 a       239     0    10     1    23
 -2.7120819686008519E+00 a       240     0    10     1    24
 -8.1009026760312093E+00 a       241     0    11     1     1
  6.1934375664731922E+00 a       242     0    11     1     2
 -3.6262065458415891E+00 a       243     0    11     1     3
 -1.2638701770454559E+00 a       244     0    11     1     4
  3.6224152874625095E+00 a       245     0    11     1     5
 -1.8521761254924147E+00 a       246     0    11     1     6
 -4.7024610717004895E+00 a       247     0    11     1     7
  5.4852975475920829E+00 a       248     0    11     1     8
  9.5587406139272453E+00 a       249     0    11     1     9
 -4.0542970216872458E+00 a       250     0    11     1    10
 -6.1281491970698765E+00 a       251     0    11     1    11
 -2.3657090476709788E-01 a       252     0    11     1    12
  1.2246424133290348E+00 a       253     0    11     1    13
 -6.1632054895027313E+00 a       254     0    11     1    14
  5.3139984089628109E+00 a       255     0    11     1    15
  1.9362306528020066E+00 a       256     0    11     1    16
  3.0217803515715103E+00 a       257     0    11     1    17
 -4.8675892473529432E+00 a       258     0    11     1    18
 -4.3073459752273875E+00 a       259     0    11     1    19
  9.3455090227567581E+00 a       260     0    11     1    20
 -1.7160801445829912E+00 a       261     0    11     1    21
  6.0097546367617438E+00 a       262     0    11     1    22
  4.1440163261954215E+00 a       263     0    11     1    23
 -5.4792403538636512E+00 a       264     0    11     1    24
 -7.6162080224022199E+00 a       265     0    12     1     1
 -6.7873892020940227E-02 a       266     0    12     1     2
  1.3331546085922878E+00 a       267     0    12     1     3
  1.1588130084072432E+01 a       268     0    12     1     4
  3.3547024863239430E+00 a       269     0    12     1     5
  3.2111611291794375E+00 a       270     0    12     1     6
 -5.7121829787121783E+00 a       271     0    12     1     7
 -3.2955203072061090E-01 a       272     0    12     1     8
  4.8209263462808218E+00 a       273     0    12     1     9
 -3.4327997528155185E+00 a       274     0    12     1    10
 -4.4220745440798082E+00 a       275     0    12     1    11
 -1.5976093343633715E+00 a       276     0    12     1    12
 -4.2597294894597839E+00 a       277     0    12     1    13
 -4.5039622165280733E+00 a       278     0    12     1    14
  1.1373215613112754E+01 a       279     0    12     1    15
 -6.9427074118984233E+00 a       280     0    12     1    16
  2.4480095736839025E-01 a       281     0    12     1    17
 -3.2144733463266446E+00 a       282     0    12     1    18
 -7.0511117565322525E+00 a       283     0    12     1    19
 -1.0126751985538855E+00 a       284     0    12     1    20
 -1.9539077960744762E+00 a       285     0    12     1    21
  1.2738966626030567E+01 a       286     0    12     1    22
  7.4446714322169583E-01 a       287     0    12     1    23
 -2.7909300873841834E+00 a       288     0    12     1    24
 -6.3679077989960255E+00 a       289     0    13     1     1
 -6.4141731454968420E+00 a       290     0    13     1     2
 -4.2623543378860723E-01 a       291     0    13     1     3
 -2.8829200872425087E+00 a       292     0    13     1     4
  4.9376529148233281E+00 a       293     0    13     1     5
 -3.7185546754566756E+00 a       294     0    13     1     6
 -4.5666101634294920E-01 a       295     0    13     1     7
 -6.5327458333655501E+00 a       296     0    13     1     8
 -1.0908173245096751E+00 a       297     0    13     1     9
  5.1648313158773211E+00 a       298     0    13     1    10
  2.8930239451623949E+00 a       299     0    13     1    11
  3.1083109101155926E-01 a       300     0    13     1    12
 -8.2517167905242894E-01 a       301     0    13     1    13
  4.5329425125077831E+00 a       302     0    13     1    14
 -5.0450984221611117E+00 a       303     0    13     1    15
 -7.1957036942901342E-01 a       304     0    13     1    16
 -3.1043866926535539E+00 a       305     0    13     1    17
  2.4162058880244315E+00 a       306     0    13     1    18
  1.5142641350998898E-01 a       307     0    13     1    19
  5.8833829150607171E+00 a       308     0    13     1    20
 -3.3311264856287415E+00 a       309     0    13     1    21
  1.3887667495642135E+00 a       310     0    13     1    22
  3.4969999147355049E+00 a       311     0    13     1    23
 -2.2661392873667041E+00 a       312     0    13     1    24
 -4.4373891423515834E+00 a       313     0    14     1     1
 -9.5444878929758703E-01 a       314     0    14     1     2
  9.0414392524521521E+00 a       315     0    14     1     3
 -9.1141008434211979E-01 a       316     0    14     1     4
  1.8646635346700785E-01 a       317     0    14     1     5
 -1.7046122073192205E+01 a       318     0    14     1     6
 -1.2665797711975609E+01 a       319     0    14     1     7
  1.9228952811987623E+00 a       320     0    14     1     8
  4.7042938815196420E+00 a       321     0    14     1     9
 -7.3133720007619663E-01 a       322     0    14     1    10
  4.0698583499488394E-01 a       323     0    14     1    11
  2.4972312703614796E+00 a       324     0    14     1    12
 -2.1410976952944596E+00 a       325     0    14     1    13
  4.3540169522418086E+00 a       326     0    14     1    14
  8.7423126805009954E-01 a       327     0    14     1    15
 -7.0767555218569349E+00 a       328     0    14     1    16
 -6.4538358896112866E+00 a       329     0    14     1    17
 -1.0503853030364321E-01 a       330     0    14     1    18
 -5.0461361922916625E-01 a       331     0    14     1    19
 -7.1330547619600022E+00 a       332     0    14     1    20
 -5.0038317546923583E+00 a       333     0    14     1    21
  1.0046900954842085E+01 a       334     0    14     1    22
  4.3199178314069862E+00 a       335     0    14     1    23
 -3.7480432226471939E-02 a       336     0    14     1    24
 -1.7522413512085976E+01 a       337     0    15     1     1
 -2.5901239877517011E+01 a       338     0    15     1     2
  2.6547379045285964E+00 a       339     0    15     1     3
 -1.3132571072246009E+00 a       340     0    15     1     4
  4.8313523132765024E+00 a       341     0    15     1     5
 -5.6514902265624540E+00 a       342     0    15     1     6
 -8.9399936147067982E-01 a       343     0    15     1     7
 -4.3242731417341878E+00 a       344     0    15     1     8
 -1.4461864116307222E+01 a       345     0    15     1     9
 -3.5364552892181691E+00 a       346     0    15     1    10
 -4.6490971582383098E+00 a       347     0    15     1    11
  1.3147747602547396E+01 a       348     0    15     1    12
  7.3390617591214848E+00 a       349     0    15     1    13
  1.8606333555853144E+01 a       350     0    15     1    14
 -5.8890060669391964E-01 a       351     0    15     1    15
  5.3324553202824765E-01 a       352     0    15     1    16
 -9.3421769501534946E-01 a       353     0    15     1    17
 -4.7278652357449031E+00 a       354     0    15     1    18
  5.2657878273106382E+00 a       355     0    15     1    19
  4.4720847162393005E+00 a       356     0    15     1    20
 -9.4691431467678822E+00 a       357     0    15     1    21
 -2.3298930057188596E+01 a       358     0    15     1    22
 -1.6255173446929579E+01 a       359     0    15     1    23
  1.2243611158246852E+01 a       360     0    15     1    24
 -3.3533606081151111E+00 a       361     0    16     1     1
 -5.3874647875146557E+00 a       362     0    16     1     2
 -9.6605240766389819E+00 a       363     0    16     1     3
  1.0834059363996003E+00 a       364     0    16     1     4
  4.5517801614508171E+00 a       365     0    16     1     5
  1.3534140726727935E+01 a       366     0    16     1     6
 -3.5448738981797751E-01 a       367     0    16     1     7
  1.0876865547348761E+01 a       368     0    16     1     8
  9.7164544905570409E+00 a       369     0    16     1     9
 -8.5635358906352455E+00 a       370     0    16     1    10
  1.0376735832482767E+01 a       371     0    16     1    11
  1.0329152748773215E+01 a       372     0    16     1    12
 -3.4520372557650494E+00 a       373     0    16     1    13
 -4.8896795590126274E+00 a       374     0    16     1    14
 -1.3890477400351029E+01 a       375     0    16     1    15
  2.9416327635349484E+00 a       376     0    16     1    16
  3.1837136099479191E-01 a       377     0    16     1    17
 -2.4439970383552869E+00 a       378     0    16     1    18
  4.3179263119547229E-01 a       379     0    16     1    19
 -2.3502705943987747E+00 a       380     0    16     1    20
 -9.7050002927561252E+00 a       381     0    16     1    21
 -1.0011140078235309E+01 a       382     0    16     1    22
  1.3684666155157409E+01 a       383     0    16     1    23
 -9.4628101478923963E+00 a       384     0    16     1    24
  2.4468128169484413E+00 a       385     0    17     1     1
 -2.3127197105612844E+01 a       386     0    17     1     2
 -4.9018674271324841E+01 a       387     0    17     1     3
 -2.3159669858979388E+01 a       388     0    17     1     4
 -5.7418656557117842E+01 a       389     0    17     1     5
  3.7745572261013677E+01 a       390     0    17     1     6
  1.1669005935147439E+01 a       391     0    17     1     7
  3.1842541135948121E+01 a       392     0    17     1     8
  3.5726237233197629E+01 a       393     0    17     1     9
 -1.7772992239987948E+00 a       394     0    17     1    10
 -7.3460537172814355E+00 a       395     0    17     1    11
 -4.7194718202220578E+01 a       396     0    17     1    12
  7.9445559507676702E+00 a       397     0    17     1    13
  1.0769762989744347E+01 a       398     0    17     1    14
  2.6107115584240347E+01 a       399     0    17     1    15
 -1.9138203742264324E+01 a       400     0    17     1    16
  1.2686874883047112E+01 a       401     0    17     1    17
  4.4199528200006753E+01 a       402     0    17     1    18
 -1.5340132596437030E+01 a       403     0    17     1    19
 -9.4000341671952086E+01 a       404     0    17     1    20
  4.4347743355201040E+01 a       405     0    17     1    21
 -1.2485170351016396E+01 a       406     0    17     1    22
 -6.7715546313509151E+01 a       407     0    17     1    23
  9.6641322688389764E+00 a       408     0    17     1    24
  3.7398475092224118E+01 a       409     0    18     1     1
 -3.3010360366137945E+01 a       410     0    18     1     2
  2.5670435700757547E+01 a       411     0    18     1     3
 -2.0780096176941086E+01 a       412     0    18     1     4
 -2.5271760923553867E+01 a       413     0    18     1     5
  4.4142674818780939E+01 a       414     0    18     1     6
  1.1044212325211864E+00 a       415     0    18     1     7
 -1.0742180655684612E+01 a       416     0    18     1     8
 -3.1690835959382440E+01 a       417     0    18     1     9
  8.0245318527722453E+00 a       418     0    18     1    10
 -3.6835589068438225E+01 a       419     0    18     1    11
  2.3067599248545882E+01 a       420     0    18     1    12
 -1.7861365349380250E+01 a       421     0    18     1    13
  6.5540839994779091E+01 a       422     0    18     1    14
 -5.5306794415995624E+00 a       423     0    18     1    15
 -1.5982274855901283E+01 a       424     0    18     1    16
  3.0671851850418744E+01 a       425     0    18     1    17
 -4.8840764774865868E+01 a       426     0    18     1    18
 -3.0330576890607919E+01 a       427     0    18     1    19
  3.9443306214810548E+01 a       428     0    18     1    20
 -4.6813614127589112E+01 a       429     0    18     1    21
  4.1066815419627098E+01 a       430     0    18     1    22
  2.6968414393737547E+01 a       431     0    18     1    23
 -2.4978132646986012E+01 a       432     0    18     1    24
  3.6968724043845199E+01 a       433     0    19     1     1
  1.2998291524092313E+01 a       434     0    19     1     2
  4.5211309663702167E+01 a       435     0    19     1     3
 -1.2547727171350703E-01 a       436     0    19     1     4
 -4.5665140492296928E+01 a       437     0    19     1     5
 -3.8026856139705707E+01 a       438     0    19     1     6
 -1.5585263285180558E+01 a       439     0    19     1     7
 -3.1739980274313027E+00 a       440     0    19     1     8
  1.4901888463903742E+01 a       441     0    19     1     9
  3.2748924924274519E+01 a       442     0    19     1    10
 -9.7754220846092377E+00 a       443     0    19     1    11
 -5.2087300277753393E+01 a       444     0    19     1    12
  7.9276960854940102E+00 a       445     0    19     1    13
  3.0780702488739664E+01 a       446     0    19     1    14
  1.4699342531187018E+01 a       447     0    19     1    15
 -2.9311024615359386E+01 a       448     0    19     1    16
 -3.8611549187771182E+01 a       449     0    19     1    17
 -4.5485790311298109E+00 a       450     0    19     1    18
 -2.4124680492684686E+01 a       451     0    19     1    19
 -3.7752608174341489E+01 a       452     0    19     1    20
  3.1523769930406953E+01 a       453     0    19     1    21
 -1.6548896638659713E+01 a       454     0    19     1    22
  6.9213290260432885E+01 a       455     0    19     1    23
  3.3710453097927058E+01 a       456     0    19     1    24
 -1.0654268204359600E+01 a       457     0    20     1     1
 -1.2423633384708863E+01 a       458     0    20     1     2
 -1.3705271373498664E+00 a       459     0    20     1     3
 -2.7129321115904503E+01 a       460     0    20     1     4
 -1.1591421251842144E+01 a       461     0    20     1     5
 -7.7993539815697757E+00 a       462     0    20     1     6
  5.7085141708745532E+01 a       463     0    20     1     7
 -1.2243202540478458E-01 a       464     0    20     1     8
 -1.7262120274633674E+00 a       465     0    20     1     9
 -4.5060388135523449E-01 a       466     0    20     1    10
  6.8039187996736189E+01 a       467     0    20     1    11
 -8.7658297034203969E+01 a       468     0    20     1    12
 -2.2990396005916825E+01 a       469     0    20     1    13
 -2.9679619423088432E+01 a       470     0    20     1    14
  2.8749022715178832E+01 a       471     0    20     1    15
 -2.0649244073075209E+01 a       472     0    20     1    16
 -1.0547536171497587E+01 a       473     0    20     1    17
  3.8498201940397145E+01 a       474     0    20     1    18
 -2.0740546087137851E+01 a       475     0    20     1    19
 -2.3958124146547274E+01 a       476     0    20     1    20
  7.1104184221965895E+01 a       477     0    20     1    21
 -4.7778789601269487E+01 a       478     0    20     1    22
 -6.0674578599005649E+01 a       479     0    20     1    23
  1.9218237011266954E+01 a       480     0    20     1    24
 -5.6984597828016250E+00 a       481     0    21     1     1
  7.1182363129043402E+00 a       482     0    21     1     2
  3.5368797991625556E+00 a       483     0    21     1     3
  1.5631791118546556E+00 a       484     0    21     1     4
  9.7126329176605086E+00 a       485     0    21     1     5
 -7.1891221061866641E+00 a       486     0    21     1     6
 -5.7716078830556530E+00 a       487     0    21     1     7
  8.9948785595131275E-01 a       488     0    21     1     8
  1.2068120593412646E+00 a       489     0    21     1     9
 -3.0109736507118461E+00 a       490     0    21     1    10
  4.4860291379237965E-01 a       491     0    21     1    11
  9.4268319154998235E+00 a       492     0    21     1    12
 -2.2467496582829929E+00 a       493     0    21     1    13
 -5.0775453332273557E+00 a       494     0    21     1    14
 -4.2498944191839572E+00 a       495     0    21     1    15
  7.3748947157855742E+00 a       496     0    21     1    16
 -1.0551339802133424E+00 a       497     0    21     1    17
 -6.5546076679054464E+00 a       498     0    21     1    18
  2.1470621179154574E+00 a       499     0    21     1    19
  1.8957423620364679E+01 a       500     0    21     1    20
 -1.0592411100994534E+01 a       501     0    21     1    21
  8.0861231308280335E+00 a       502     0    21     1    22
  9.7870621143716079E+00 a       503     0    21     1    23
 -5.8083277117343739E+00 a       504     0    21     1    24
 -1.0680634765862997E+01 a       505     0    22     1     1
  6.9592806670031164E+00 a       506     0    22     1     2
 -4.6492838103469500E+00 a       507     0    22     1     3
  7.1468227824567938E+00 a       508     0    22     1     4
  7.0876389659660015E+00 a       509     0    22     1     5
 -5.6710248844022368E+00 a       510     0    22     1     6
 -7.1405778263145070E+00 a       511     0    22     1     7
 -5.3441730460795811E-02 a       512     0    22     1     8
  9.3785797828578197E+00 a       513     0    22     1     9
 -2.7532301717096934E+00 a       514     0    22     1    10
  4.0761922886955722E+00 a       515     0    22     1    11
 -2.8649884060145165E+00 a       516     0    22     1    12
 -2.6901714408245669E+00 a       517     0    22     1    13
 -1.4313392681448356E+01 a       518     0    22     1    14
 -5.7629698077097946E-01 a       519     0    22     1    15
  1.5582874261485276E+00 a       520     0    22     1    16
 -1.0670838661720408E+01 a       521     0    22     1    17
  6.7743206433137644E+00 a       522     0    22     1    18
  5.8002891531817657E-01 a       523     0    22     1    19
 -8.2590437148302396E+00 a       524     0    22     1    20
  3.8382863659780897E+00 a       525     0    22     1    21
 -1.0779448882124534E+00 a       526     0    22     1    22
 -2.7815949553875323E+00 a       527     0    22     1    23
 -4.1109895228230844E+00 a       528     0    22     1    24
  3.7290557188845575E+01 a       529     0    23     1     1
 -6.4478871159991300E+00 a       530     0    23     1     2
  3.7828511881631940E+01 a       531     0    23     1     3
 -4.1833817827583690E+00 a       532     0    23     1     4
 -5.8880013541494051E+01 a       533     0    23     1     5
 -2.2300866014214481E+01 a       534     0    23     1     6
  1.7532275314534505E+01 a       535     0    23     1     7
 -5.1733288547314382E+00 a       536     0    23     1     8
 -9.7169180123681222E+00 a       537     0    23     1     9
  6.1873448165812004E+00 a       538     0    23     1    10
  2.3966626971920384E+01 a       539     0    23     1    11
 -1.1483606484343182E+01 a       540     0    23     1    12
 -2.8967196224630435E+01 a       541     0    23     1    13
 -2.2351739599574283E+00 a       542     0    23     1    14
 -2.9032730471387048E+01 a       543     0    23     1    15
 -2.0247371539087869E+01 a       544     0    23     1    16
 -2.5366462417571380E+01 a       545     0    23     1    17
  1.3549793046004524E+01 a       546     0    23     1    18
  3.3682987164391605E+01 a       547     0    23     1    19
 -3.3186881027004858E+01 a       548     0    23     1    20
 -3.8445808383031171E+01 a       549     0    23     1    21
  1.4963082082098587E+01 a       550     0    23     1    22
 -4.9711296478253582E+00 a       551     0    23     1    23
 -2.5495397636592948E+01 a       552     0    23     1    24
  1.4509335083397639E+01 a       553     0    24     1     1
  4.4021318499461294E+01 a       554     0    24     1     2
 -6.6089567343162621E+00 a       555     0    24     1     3
 -1.5708735512993723E+01 a       556     0    24     1     4
 -2.8587951556970740E+01 a       557     0    24     1     5
 -8.4616194283615709E+00 a       558     0    24     1     6
  2.5152899756705754E+01 a       559     0    24     1     7
 -1.8833977459850104E+01 a       560     0    24     1     8
 -1.1551515137970240E+01 a       561     0    24     1     9
  5.4367985688541921E+01 a       562     0    24     1    10
 -3.4690229770172659E-01 a       563     0    24     1    11
 -4.1656736042905820E+01 a       564     0    24     1    12
  2.4889950598429085E+01 a       565     0    24     1    13
 -3.8104836087645175E+01 a       566     0    24     1    14
 -2.6077051160182005E+01 a       567     0    24     1    15
  2.9647281648150727E+01 a       568     0    24     1    16
 -4.4928978041465626E+01 a       569     0    24     1    17
  9.8511314430210177E+00 a       570     0    24     1    18
  1.6639200203154509E+01 a       571     0    24     1    19
 -3.2722707877097399E+01 a       572     0    24     1    20
  2.5258379751831463E+01 a       573     0    24     1    21
 -3.1619836315189865E+01 a       574     0    24     1    22
 -3.8623945015078128E+01 a       575     0    24     1    23
  1.8166011476862231E+01 a       576     0    24     1    24
 -7.7230812593364906E+00 a       577     0    25     1     1
 -9.0533548966397817E+00 a       578     0    25     1     2
 -2.1162896002775535E+00 a       579     0    25     1     3
  7.2069625124003576E+00 a       580     0    25     1     4
  3.8654870660908301E+01 a       581     0    25     1     5
  1.0406562960112380E+01 a       582     0    25     1     6
  8.3248414784011660E-01 a       583     0    25     1     7
 -1.6826777661424078E+01 a       584     0    25     1     8
 -2.0450069939233401E+01 a       585     0    25     1     9
  3.7797316572180895E-01 a       586     0    25     1    10
  6.6997073788511119E-01 a       587     0    25     1    11
  1.6285800380448013E+01 a       588     0    25     1    12
  8.0037540456105347E+00 a       589     0    25     1    13
  3.1001311700869087E+00 a       590     0    25     1    14
 -6.1443322940050205E-01 a       591     0    25     1    15
  4.9623540176264704E+00 a       592     0    25     1    16
  1.1551498497368632E+01 a       593     0    25     1    17
 -8.2049312233621414E+00 a       594     0    25     1    18
 -3.2515420505996779E+00 a       595     0    25     1    19
  1.9867284402344051E+01 a       596     0    25     1    20
  9.0939335086461774E+00 a       597     0    25     1    21
 -1.4863824839875756E+01 a       598     0    25     1    22
  5.4156834051504288E-01 a       599     0    25     1    23
  1.1055536723588013E+01 a       600     0    25     1    24
  2.7167209417536000E+00 a       601     0    26     1     1
 -1.2103778570534036E+01 a       602     0    26     1     2
  3.7429900198761081E+00 a       603     0    26     1     3
 -4.4429769407519766E+00 a       604     0    26     1     4
  8.5869357479228299E+00 a       605     0    26     1     5
 -1.1987457918573085E+01 a       606     0    26     1     6
 -1.3803472645231485E+01 a       607     0    26     1     7
  1.6778112605477975E+01 a       608     0    26     1     8
  4.3305953492416854E-01 a       609     0    26     1     9
 -1.8777947428856830E+01 a       610     0    26     1    10
  8.2558468269696283E-01 a       611     0    26     1    11
  2.8283703954478170E+01 a       612     0    26     1    12
  6.7883122969417986E+00 a       613     0    26     1    13
  2.2738884443013827E+01 a       614     0    26     1    14
 -2.9221833038012188E+00 a       615     0    26     1    15
 -4.4307914321594755E-01 a       616     0    26     1    16
  2.3959015743778583E+01 a       617     0    26     1    17
  4.1258049678750410E+00 a       618     0    26     1    18
  1.5086518075526413E+01 a       619     0    26     1    19
  1.1866168098229926E+01 a       620     0    26     1    20
 -1.0056588049128399E+01 a       621     0    26     1    21
 -4.3645947698192744E+00 a       622     0    26     1    22
  2.3671081259185762E+01 a       623     0    26     1    23
  9.6098666970414790E+00 a       624     0    26     1    24
  5.7766660774580583E+00 a       625     0    27     1     1
  3.3059230739315190E+01 a       626     0    27     1     2
 -3.3636005770557920E-01 a       627     0    27     1     3
 -6.2851639705152849E+00 a       628     0    27     1     4
  1.6787028899962070E+01 a       629     0    27     1     5
  1.6923624375868576E+00 a       630     0    27     1     6
 -5.7381015260183563E+00 a       631     0    27     1     7
 -6.6114029007014787E+00 a       632     0    27     1     8
  2.3449062321222790E+01 a       633     0    27     1     9
  1.4449582526370436E+01 a       634     0    27     1    10
  1.2504854578920321E+01 a       635     0    27     1    11
 -1.3982398898174923E+01 a       636     0    27     1    12
 -1.5164578424205505E+01 a       637     0    27     1    13
 -2.8791283025549507E+01 a       638     0    27     1    14
 -1.1387812967604038E+01 a       639     0    27     1    15
 -1.5525767378320587E+00 a       640     0    27     1    16
  2.3389496909426675E+00 a       641     0    27     1    17
  2.7995013677108340E+00 a       642     0    27     1    18
 -1.0359582926784324E+01 a       643     0    27     1    19
  1.7952330881620082E+01 a       644     0    27     1    20
  1.0816025564963438E+01 a       645     0    27     1    21
  4.4960101416367230E+01 a       646     0    27     1    22
  4.0774690140384763E+01 a       647     0    27     1    23
 -3.3102980001860516E+01 a       648     0    27     1    24
 -7.1695742707554500E+00 a       649     0    28     1     1
  1.3117592476082088E+01 a       650     0    28     1     2
  4.2202247761465713E+01 a       651     0    28     1     3
  1.3948376189250158E+00 a       652     0    28     1     4
 -2.9010909290162807E+00 a       653     0    28     1     5
 -6.3098393373573025E+01 a       654     0    28     1     6
 -3.5407713361017564E+01 a       655     0    28     1     7
 -1.0843262846937961E+01 a       656     0    28     1     8
 -1.3987365141862586E+01 a       657     0    28     1     9
  6.5122389719664628E+00 a       658     0    28     1    10
 -3.3108958016569126E+01 a       659     0    28     1    11
 -6.2086140113545829E+00 a       660     0    28     1    12
  5.6630964025106856E+00 a       661     0    28     1    13
  2.4910699598012908E+01 a       662     0    28     1    14
  3.4949266182736700E+01 a       663     0    28     1    15
 -2.3774028704629714E+01 a       664     0    28     1    16
 -1.9778061498912110E+00 a       665     0    28     1    17
  4.5464905765261836E+00 a       666     0    28     1    18
  6.3291592840869304E-01 a       667     0    28     1    19
 -1.4657686701731654E+01 a       668     0    28     1    20
  5.7930580087939436E+00 a       669     0    28     1    21
  4.1506483284221133E+01 a       670     0    28     1    22
 -6.9148201361602339E+00 a       671     0    28     1    23
  3.2010777913619542E+01 a       672     0    28     1    24
 -2.8194202293006406E+01 a       673     0    29     1     1
 -8.1032889241610384E+00 a       674     0    29     1     2
 -9.8995427117672796E-01 a       675     0    29     1     3
  1.0608294768077231E+00 a       676     0    29     1     4
  3.0738663311508674E+01 a       677     0    29     1     5
  4.4485326089282493E+00 a       678     0    29     1     6
 -4.2285402443829909E+00 a       679     0    29     1     7
  6.8696190044547600E-01 a       680     0    29     1     8
 -1.2451138047176778E+01 a       681     0    29     1     9
 -2.2597472264293383E+01 a       682     0    29     1    10
 -1.4464002798958624E+01 a       683     0    29     1    11
  1.9541532156938899E+01 a       684     0    29     1    12
  1.5183537175094637E+01 a       685     0    29     1    13
 -9.4774273147570529E+00 a       686     0    29     1    14
  1.5844653575148648E+01 a       687     0    29     1    15
  5.7822845404510828E+00 a       688     0    29     1    16
  2.5446593054644591E+01 a       689     0    29     1    17
 -2.3914024372942389E+01 a       690     0    29     1    18
 -2.2753561885950679E+00 a       691     0    29     1    19
  2.9571407333253688E+01 a       692     0    29     1    20
 -3.9293975048135565E+00 a       693     0    29     1    21
 -1.4087200833621644E+01 a       694     0    29     1    22
 -1.2746577527106536E+01 a       695     0    29     1    23
  1.6501762801562048E+01 a       696     0    29     1    24
 -9.8168152997396678E+00 a       697     0    30     1     1
 -1.2378805974605635E+01 a       698     0    30     1     2
 -1.3422465015903327E+01 a       699     0    30     1     3
  1.7904273765650299E+01 a       700     0    30     1     4
  1.2459578615293660E+01 a       701     0    30     1     5
  3.6140363900037350E+01 a       702     0    30     1     6
 -1.2966587160757227E+01 a       703     0    30     1     7
  1.9423650498550838E+01 a       704     0    30     1     8
  1.3145216254134533E+01 a       705     0    30     1     9
 -2.0262239091880151E+01 a       706     0    30     1    10
  6.0657134486110360E+00 a       707     0    30     1    11
  2.4601578759366014E+01 a       708     0    30     1    12
 -4.8548152549957129E+00 a       709     0    30     1    13
 -6.9074000744918216E+00 a       710     0    30     1    14
 -3.6774514507254481E+00 a       711     0    30     1    15
 -3.3196661130243810E-01 a       712     0    30     1    16
  2.3536988083822298E+01 a       713     0    30     1    17
 -8.4645966179076346E+00 a       714     0    30     1    18
 -6.2075868665185285E-01 a       715     0    30     1    19
  1.6378383648074127E+01 a       716     0    30     1    20
 -1.8171091234932540E+01 a       717     0    30     1    21
 -1.0624412752754440E+00 a       718     0    30     1    22
  2.8863510188340570E+01 a       719     0    30     1    23
 -1.3185455180399904E+01 a       720     0    30     1    24
  4.9169018760508049E-01 a       721     0    31     1     1
 -1.0528323237283463E+00 a       722     0    31     1     2
 -3.7796806747660732E+00 a       723     0    31     1     3
 -4.3344187427121685E+00 a       724     0    31     1     4
 -3.4854292747349342E+00 a       725     0    31     1     5
  1.9075583636435303E-01 a       726     0    31     1     6
 -1.2118703335719999E-01 a       727     0    31     1     7
  1.8039108943168822E+00 a       728     0    31     1     8
 -1.0749535594314474E+00 a       729     0    31     1     9
  4.0087310956171187E+00 a       730     0    31     1    10
 -2.6367751553970580E+00 a       731     0    31     1    11
  1.5120541773263707E+00 a       732     0    31     1    12
  5.5144079449194470E+00 a       733     0    31     1    13
 -6.2882010369899648E+00 a       734     0    31     1    14
  2.7565650356065987E+00 a       735     0    31     1    15
  1.2592590063878448E+00 a       736     0    31     1    16
  2.4389565412833560E+00 a       737     0    31     1    17
 -1.7326540997637674E+00 a       738     0    31     1    18
  4.2953733044998756E+00 a       739     0    31     1    19
  9.3947323213908813E+00 a       740     0    31     1    20
  5.3556564260197286E+00 a       741     0    31     1    21
 -3.0053276689510899E+00 a       742     0    31     1    22
 -3.6768129406239511E+00 a       743     0    31     1    23
  2.7115061168144639E+00 a       744     0    31     1    24
 -8.3964900611866899E-01 a       745     0    32     1     1
 -5.2731187805797532E-02 a       746     0    32     1     2
 -7.1608957115933736E-01 a       747     0    32     1     3
  5.7850484604977359E-01 a       748     0    32     1     4
 -1.3789227051128902E-01 a       749     0    32     1     5
  4.4299351347406657E-01 a       750     0    32     1     6
 -3.1089248424179988E-01 a       751     0    32     1     7
  3.8946315426187034E-01 a       752     0    32     1     8
  1.1449175903615076E+00 a       753     0    32     1     9
  1.0845667491347730E+00 a       754     0    32     1    10
 -2.1485806696461668E-01 a       755     0    32     1    11
 -3.9102200301300366E-01 a       756     0    32     1    12
 -1.2559179177561602E-01 a       757     0    32     1    13
 -4.6934569632473840E-02 a       758     0    32     1    14
  4.2779252705927084E-01 a       759     0    32     1    15
  4.7650223415840515E-01 a       760     0    32     1    16
  2.8659695008763009E-01 a       761     0    32     1    17
  8.9388459280185051E-01 a       762     0    32     1    18
  2.0338150552112183E-01 a       763     0    32     1    19
  3.0228589897402697E-01 a       764     0    32     1    20
 -7.9202251202207849E-02 a       765     0    32     1    21
  9.6018177339399990E-01 a       766     0    32     1    22
  5.7253699747970538E-02 a       767     0    32     1    23
  4.0620548331840906E-01 a       768     0    32     1    24
 -5.0420898034721932E-02 b       769     1     1
  1.1307724821511548E-02 b       770     1     2
  2.3106945841667176E-01 b       771     1     3
  1.9454684372338110E-01 b       772     1     4
 -1.1006937398782851E-01 b       773     1     5
 -5.1341265171154074E-02 b       774     1     6
  4.7804608295149556E-02 b       775     1     7
 -7.4350483301246578E-02 b       776     1     8
 -7.3024456104741647E-02 b       777     1     9
 -1.8848760065694373E-01 b       778     1    10
  6.7349369915980145E-02 b       779     1    11
 -1.8426818136061320E-02 b       780     1    12
  2.2749102649906380E-01 b       781     1    13
 -1.1219883277637793E-01 b       782     1    14
  5.7475575820764652E-02 b       783     1    15
  2.5213604575181914E-01 b       784     1    16
 -3.7268553174286899E-03 b       785     1    17
  1.1075937608416139E-01 b       786     1    18
  1.2243638329212633E-01 b       787     1    19
  5.4346487421276186E-02 b       788     1    20
  3.8042327505575795E-03 b       789     1    21
  9.6777771731708928E-02 b       790     1    22
  3.4975692712261114E-02 b       791     1    23
 -6.2505335494657061E-02 b       792     1    24
 -5.4025049751662679E-01 a       793     1     1     2     1
 -4.3719290224439827E-01 a       794     1     1     2     2
 -1.1134733380062345E+00 a       795     1     1     2     3
  4.9243062188053601E+00 a       796     1     1     2     4
  6.7691916542470987E-01 a       797     1     1     2     5
 -1.2105154000498053E+00 a       798     1     1     2     6
  2.7091082953014273E-01 a       799     1     1     2     7
 -5.6135113488615340E-01 a       800     1     1     2     8
 -6.8119439964213357E-01 a       801     1     1     2     9
 -8.8874306416496529E-01 a       802     1     1     2    10
 -3.5037920602197381E-01 a       803     1     1     2    11
 -1.4583599598177759E+00 a       804     1     1     2    12
  6.1478012232036838E-01 a       805     1     1     2    13
 -8.8506183923794457E-01 a       806     1     1     2    14
 -9.4465312565075499E-01 a       807     1     1     2    15
  1.1593392926407564E+00 a       808     1     1     2    16
  5.9129101383958782E-01 a       809     1     1     2    17
  2.6082349354154357E+00 a       810     1     1     2    18
  8.1976745705238163E-02 a       811     1     1     2    19
 -2.4558536834044378E+00 a       812     1     1     2    20
 -5.0161652038635274E-01 a       813     1     1     2    21
  2.0823229228035398E+00 a       814     1     1     2    22
  1.5992068637006374E+00 a       815     1     1     2    23
 -7.1622346940268944E-01 a       816     1     1     2    24
  3.7696720437549849E+00 a       817     1     2     2     1
 -1.7399430229961055E+00 a       818     1     2     2     2
 -1.3260035060848470E-02 a       819     1     2     2     3
 -4.5162907883894752E+00 a       820     1     2     2     4
 -2.2329520579794812E-01 a       821     1     2     2     5
 -1.8561612463444330E-01 a       822     1     2     2     6
 -1.2046668746348803E+00 a       823     1     2     2     7
  1.6005034265705348E-01 a       824     1     2     2     8
 -1.3488300635373756E+00 a       825     1     2     2     9
  3.3523652383411155E+00 a       826     1     2     2    10
 -1.0786961037247871E+00 a       827     1     2     2    11
  7.4098314974639268E-01 a       828     1     2     2    12
  6.8054564957786848E-02 a       829     1     2     2    13
  2.1820233569451326E+00 a       830     1     2     2    14
  8.1485594071408118E-01 a       831     1     2     2    15
  4.4254999561199804E-01 a       832     1     2     2    16
  3.8652980560375111E-02 a       833     1     2     2    17
  2.8080846616553704E-02 a       834     1     2     2    18
  8.0815486559128502E-01 a       835     1     2     2    19
  1.1322006639676809E+00 a       836     1     2     2    20
  2.2305108357549370E+00 a       837     1     2     2    21
  1.0757395798922418E+00 a       838     1     2     2    22
 -1.2449703024678547E+00 a       839     1     2     2    23
  1.2385569762389315E+00 a       840     1     2     2    24
 -1.7310407447032234E+00 a       841     1     3     2     1
 -2.5720477941073966E-01 a       842     1     3     2     2
 -2.1561966424794946E-01 a       843     1     3     2     3
  3.1870428892695699E+00 a       844     1     3     2     4
  2.4213729663662567E+00 a       845     1     3     2     5
 -6.9003002661999324E-02 a       846     1     3     2     6
  4.8875434965864822E-01 a       847     1     3     2     7
 -2.0517136843047859E-01 a       848     1     3     2     8
 -1.8926947776033445E+00 a       849     1     3     2     9
 -3.3811439038870938E+00 a       850     1     3     2    10
 -7.2366223595010915E-01 a       851     1     3     2    11
  2.9628550222977723E-01 a       852     1     3     2    12
  2.7747099779729265E-02 a       853     1     3     2    13
  2.4379300528467573E+00 a       854     1     3     2    14
  7.8228872892583012E-01 a       855     1     3     2    15
 -5.1349287971727120E-01 a       856     1     3     2    16
  4.2382414226027304E-01 a       857     1     3     2    17
  1.7476204122983927E+00 a       858     1     3     2    18
  1.5225375921332387E-01 a       859     1     3     2    19
  1.0164350438135594E+00 a       860     1     3     2    20
 -1.6078360176147071E+00 a       861     1     3     2    21
  1.7758759629512888E+00 a       862     1     3     2    22
  9.4329723848061334E-02 a       863     1     3     2    23
 -6.3233704327276030E-01 a       864     1     3     2    24
 -3.8898652532553174E-01 a       865     1     4     2     1
  6.6218051248953125E-01 a       866     1     4     2     2
 -1.0035948413095908E+00 a       867     1     4     2     3
 -8.7907447828473795E-01 a       868     1     4     2     4
  7.7440299363113796E-01 a       869     1     4     2     5
  2.6426418603370907E+00 a       870     1     4     2     6
 -3.9021257034302637E-01 a       871     1     4     2     7
  6.3242353049889799E-01 a       872     1     4     2     8
  1.6275089097622326E+00 a       873     1     4     2     9
  2.1738994158429152E+00 a       874     1     4     2    10
  5.9193644892448649E-01 a       875     1     4     2    11
  7.7804945875039822E-01 a       876     1     4     2    12
 -2.7337034864852949E+00 a       877     1     4     2    13
  4.7393770007133691E+00 a       878     1     4     2    14
 -5.6602897874868474E-01 a       879     1     4     2    15
 -3.7464434919671974E-03 a       880     1     4     2    16
  2.9553610518016851E+00 a       881     1     4     2    17
 -1.1253053645007520E+00 a       882     1     4     2    18
 -5.1690415516536414E-02 a       883     1     4     2    19
  7.3820136100321465E-01 a       884     1     4     2    20
 -1.0132497545304002E+00 a       885     1     4     2    21
 -2.4438147460009891E+00 a       886     1     4     2    22
 -5.1715552878179516E-01 a       887     1     4     2    23
  9.2608818902061785E-01 a       888     1     4     2    24
  1.5854260935464561E+00 a       889     1     5     2     1
  1.0454570210017582E+00 a       890     1     5     2     2
  4.3255493612640250E-01 a       891     1     5     2     3
 -1.3400002905326807E+00 a       892     1     5     2     4
  6.0281400935271978E-01 a       893     1     5     2     5
  2.0384208168421600E+00 a       894     1     5     2     6
 -1.2740857642984944E+00 a       895     1     5     2     7
  2.6412059418980888E-01 a       896     1     5     2     8
  7.5349508042286539E-01 a       897     1     5     2     9
  1.6302561813554890E+00 a       898     1     5     2    10
  6.5496916554323281E-01 a       899     1     5     2    11
  2.1716520689480764E-01 a       900     1     5     2    12
 -1.0591497319660605E+00 a       901     1     5     2    13
 -1.7244194215105868E-01 a       902     1     5     2    14
  6.7871226597919010E-01 a       903     1     5     2    15
  3.9633540354634422E-01 a       904     1     5     2    16
  4.8741442624611264E-01 a       905     1     5     2    17
 -2.5308547128642163E+00 a       906     1     5     2    18
 -1.2783270800603233E-01 a       907     1     5     2    19
  1.0839934694343389E+00 a       908     1     5     2    20
  2.9524920485041356E-01 a       909     1     5     2    21
 -5.6457111765547952E-01 a       910     1     5     2    22
 -2.1653625563643578E-01 a       911     1     5     2    23
  3.1334496233755921E-01 a       912     1     5     2    24
  6.8532295671490457E+00 a       913     1     6     2     1
  1.8469269439000660E+00 a       914     1     6     2     2
  1.0218824806707716E+00 a       915     1     6     2     3
 -7.9118542697018368E-01 a       916     1     6     2     4
  9.9225435058998956E-01 a       917     1     6     2     5
 -2.5788881937410885E-01 a       918     1     6     2     6
  8.9425449577924399E-01 a       919     1     6     2     7
 -4.6496984932518859E-02 a       920     1     6     2     8
  1.1020206722157475E+00 a       921     1     6     2     9
  2.9198083680536251E+00 a       922     1     6     2    10
  2.0637325931011206E+00 a       923     1     6     2    11
  8.0084427207985909E-01 a       924     1     6     2    12
 -4.2532875280381230E-02 a       925     1     6     2    13
 -1.3099997159178474E+00 a       926     1     6     2    14
  6.5154582503626357E-01 a       927     1     6     2    15
 -1.2185538247501868E+00 a       928     1     6     2    16
  3.4501188733394472E-02 a       929     1     6     2    17
  1.3175262132150161E+00 a       930     1     6     2    18
 -8.3128491002465277E-01 a       931     1     6     2    19
  9.1285911956092058E-01 a       932     1     6     2    20
  2.6642068611180454E+00 a       933     1     6     2    21
 -1.9656515868163056E+00 a       934     1     6     2    22
 -5.0625482483135087E-01 a       935     1     6     2    23
  8.2966512753593591E-01 a       936     1     6     2    24
 -2.5194464465449422E+00 a       937     1     7     2     1
  1.5641515460975344E+00 a       938     1     7     2     2
 -2.8614937101871463E-01 a       939     1     7     2     3
 -7.8152320534295816E-01 a       940     1     7     2     4
  5.6400672132192697E-01 a       941     1     7     2     5
  2.1429870049897746E+00 a       942     1     7     2     6
  1.2231268333971244E+00 a       943     1     7     2     7
 -7.0110450445187322E-01 a       944     1     7     2     8
  6.2879588222786753E-01 a       945     1     7     2     9
 -2.4398959395826219E+00 a       946     1     7     2    10
  1.7997308221551640E+00 a       947     1     7     2    11
  1.1025812654988938E+00 a       948     1     7     2    12
 -1.0382635049284532E+00 a       949     1     7     2    13
  1.0395943817495583E+00 a       950     1     7     2    14
 -9.9036302742807536E-01 a       951     1     7     2    15
 -6.2186716059693425E-01 a       952     1     7     2    16
  1.1114799347729645E+00 a       953     1     7     2    17
 -2.3818978243906614E+00 a       954     1     7     2    18
 -8.6496079102536150E-01 a       955     1     7     2    19
  1.4779511909963456E+00 a       956     1     7     2    20
  5.5842465137660224E-02 a       957     1     7     2    21
 -2.9431080535584737E+00 a       958     1     7     2    22
 -1.3963540252935334E+00 a       959     1     7     2    23
 -2.4655543257600496E+00 a       960     1     7     2    24
  1.4034156910685904E+00 a       961     1     8     2     1
  1.4170915779677584E+00 a       962     1     8     2     2
  9.5048816663437030E-01 a       963     1     8     2     3
 -2.0344380941132152E+00 a       964     1     8     2     4
  1.0238524060990652E+00 a       965     1     8     2     5
  1.8909086111632816E+00 a       966     1     8     2     6
  6.4091621827767897E-01 a       967     1     8     2     7
  6.2364639466465005E-02 a       968     1     8     2     8
 -7.6852934101303805E-01 a       969     1     8     2     9
  3.4556859277703222E+00 a       970     1     8     2    10
  4.8986633299433113E-01 a       971     1     8     2    11
  1.3755516841426363E+00 a       972     1     8     2    12
 -2.2364464750422517E+00 a       973     1     8     2    13
  3.1842447291680434E+00 a       974     1     8     2    14
 -9.4265315397520422E-01 a       975     1     8     2    15
 -1.9265842815121594E+00 a       976     1     8     2    16
  1.0891367874086986E+00 a       977     1     8     2    17
  1.3750010683636722E+00 a       978     1     8     2    18
  2.9399008616051037E-01 a       979     1     8     2    19
  1.5486271836275256E+00 a       980     1     8     2    20
 -1.8539917771377206E+00 a       981     1     8     2    21
 -1.4200775279933415E+00 a       982     1     8     2    22
  1.1755095570590912E-01 a       983     1     8     2    23
  1.8619490627949111E+00 a       984     1     8     2    24
  1.4378802604486411E+00 a       985     1     9     2     1
 -2.7434084553805238E-01 a       986     1     9     2     2
 -1.1518880222248939E+00 a       987     1     9     2     3
  1.9002598430712856E+00 a       988     1     9     2     4
  2.6291660598598439E+00 a       989     1     9     2     5
 -4.0855365502698374E-02 a       990     1     9     2     6
 -5.9458994957594946E-01 a       991     1     9     2     7
  1.0792705526309165E+00 a       992     1     9     2     8
 -1.9251703264300992E+00 a       993     1     9     2     9
 -1.6587756874295032E+00 a       994     1     9     2    10
 -1.2595469804508517E+00 a       995     1     9     2    11
  4.6287871713805634E-01 a       996     1     9     2    12
  1.3779666880898847E+00 a       997     1     9     2    13
 -4.5672689231561758E+00 a       998     1     9     2    14
  4.1066819388625880E-01 a       999     1     9     2    15
  2.0855899997196623E+00 a      1000     1     9     2    16
  8.7689550492581467E-02 a      1001     1     9     2    17
  1.3532460803484270E+00 a      1002     1     9     2    18
  5.9444572908769566E-01 a      1003     1     9     2    19
  7.8789174739394091E-02 a      1004     1     9     2    20
  2.1268164453984655E+00 a      1005     1     9     2    21
  2.6682305618071850E-01 a      1006     1     9     2    22
  2.7608609799620593E-01 a      1007     1     9     2    23
  1.8642627455947847E-01 a      1008     1     9     2    24
  1.0391064582096987E-02 a      1009     1    10     2     1
  1.3362320458433024E+00 a      1010     1    10     2     2
  2.9914671962031547E-01 a      1011     1    10     2     3
 -7.7206024282263933E-02 a      1012     1    10     2     4
  1.7989905822762106E-01 a      1013     1    10     2     5
 -8.7897248259846872E-01 a      1014     1    10     2     6
  4.2527847341775382E-01 a      1015     1    10     2     7
 -1.3458848532032610E+00 a      1016     1    10     2     8
 -4.3201907471905410E-01 a      1017     1    10     2     9
 -5.6339961829398856E-02 a      1018     1    10     2    10
  1.1237677055442015E+00 a      1019     1    10     2    11
  9.9599905140081532E-02 a      1020     1    10     2    12
  8.1772101972110267E-02 a      1021     1    10     2    13
 -3.5840418588061523E-01 a      1022     1    10     2    14
 -5.0973056283259888E-01 a      1023     1    10     2    15
 -8.8365071053680671E-03 a      1024     1    10     2    16
 -9.8121433367338445E-02 a      1025     1    10     2    17
  6.6226850034705131E-01 a      1026     1    10     2    18
  5.1329209799202115E-02 a      1027     1    10     2    19
  1.6154911027948683E-02 a      1028     1    10     2    20
 -1.2095284911328436E-01 a      1029     1    10     2    21
  1.0639884693625821E+00 a      1030     1    10     2    22
  1.6842456923821456E-01 a      1031     1    10     2    23
  9.8524917272167167E-01 a      1032     1    10     2    24
  6.8171949540439476E+00 a      1033     1    11     2     1
 -1.4314991769909158E-01 a      1034     1    11     2     2
 -2.1975335491678533E-01 a      1035     1    11     2     3
 -1.9320034756110558E+00 a      1036     1    11     2     4
 -1.9463441105481906E-02 a      1037     1    11     2     5
  2.0007686575315198E+00 a      1038     1    11     2     6
  6.6801012338898402E-01 a      1039     1    11     2     7
  2.5708889465257121E+00 a      1040     1    11     2     8
  2.4708507668512247E+00 a      1041     1    11     2     9
  2.2797094363816335E+00 a      1042     1    11     2    10
  8.9297147174292557E-01 a      1043     1    11     2    11
 -9.5376750643767161E-01 a      1044     1    11     2    12
  4.8481242149978265E-01 a      1045     1    11     2    13
  2.2085280355889951E+00 a      1046     1    11     2    14
 -3.3206695230314243E-01 a      1047     1    11     2    15
 -1.1849439179514318E+00 a      1048     1    11     2    16
  9.9123793907870605E-01 a      1049     1    11     2    17
  1.6426032551663645E+00 a      1050     1    11     2    18
 -9.0000274408025230E-02 a      1051     1    11     2    19
 -1.3562374742166610E+00 a      1052     1    11     2    20
 -6.7073454834013879E-01 a      1053     1    11     2    21
 -2.2460674479985250E+00 a      1054     1    11     2    22
 -6.0515407150570655E-01 a      1055     1    11     2    23
 -8.9719541852180829E-01 a      1056     1    11     2    24
  3.4535262800159781E+00 a      1057     1    12     2     1
  4.2296934473982889E-01 a      1058     1    12     2     2
 -5.9029293964990515E-01 a      1059     1    12     2     3
  2.2491926211302040E+00 a      1060     1    12     2     4
  1.5535359719600228E+00 a      1061     1    12     2     5
 -1.5516277799929576E+00 a      1062     1    12     2     6
 -2.5463980483546400E-01 a      1063     1    12     2     7
 -4.9808202287607703E-03 a      1064     1    12     2     8
  1.8609171945016079E+00 a      1065     1    12     2     9
 -5.0451365131700698E-01 a      1066     1    12     2    10
  9.1520867587085863E-01 a      1067     1    12     2    11
 -1.0547724899241089E+00 a      1068     1    12     2    12
  4.6699614429825825E-01 a      1069     1    12     2    13
 -6.0120810370166087E+00 a      1070     1    12     2    14
 -1.4409193366026898E+00 a      1071     1    12     2    15
  1.5172065808281138E-01 a      1072     1    12     2    16
  1.7330924842864490E+00 a      1073     1    12     2    17
 -8.1103321420918040E-01 a      1074     1    12     2    18
  1.4090671346917197E-01 a      1075     1    12     2    19
 -1.0203339856223315E+00 a      1076     1    12     2    20
  1.7892093279893382E+00 a      1077     1    12     2    21
 -3.2434152197959465E+00 a      1078     1    12     2    22
  5.6454879865091379E-01 a      1079     1    12     2    23
  1.6049081226783468E+00 a      1080     1    12     2    24
 -3.3997174276304292E+00 a      1081     1    13     2     1
  7.1997730486490652E-01 a      1082     1    13     2     2
  8.5680263751928865E-01 a      1083     1    13     2     3
  9.5988177345016590E-01 a      1084     1    13     2     4
  1.8055865823971966E+00 a      1085     1    13     2     5
 -3.8488506947664175E-01 a      1086     1    13     2     6
 -1.7259887269724610E+00 a      1087     1    13     2     7
 -1.8617436588556064E+00 a      1088     1    13     2     8
  6.5599580528854251E-01 a      1089     1    13     2     9
 -2.1921879677783870E-01 a      1090     1    13     2    10
 -2.6510060801611873E-01 a      1091     1    13     2    11
  2.5333922017148380E-01 a      1092     1    13     2    12
 -2.7199150755206880E-01 a      1093     1    13     2    13
 -1.4217166369334753E+00 a      1094     1    13     2    14
  4.1131721621033457E-01 a      1095     1    13     2    15
 -1.1774212358410829E+00 a      1096     1    13     2    16
  2.0537755094726164E+00 a      1097     1    13     2    17
  2.9184308303233925E-01 a      1098     1    13     2    18
  5.1105183895071860E-01 a      1099     1    13     2    19
 -7.3388766468824496E-01 a      1100     1    13     2    20
  4.2233761454690361E-01 a      1101     1    13     2    21
  1.1661529264475234E-01 a      1102     1    13     2    22
  2.5621864786317108E+00 a      1103     1    13     2    23
 -7.5536930501545541E-01 a      1104     1    13     2    24
  1.2731898119569465E-01 a      1105     1    14     2     1
  2.0446061006199018E-01 a      1106     1    14     2     2
 -9.5622045516608434E-01 a      1107     1    14     2     3
 -2.8356797682667287E+00 a      1108     1    14     2     4
 -2.3132745858445855E-01 a      1109     1    14     2     5
 -8.1517334641216899E-01 a      1110     1    14     2     6
 -6.0109146568461225E-01 a      1111     1    14     2     7
 -9.1200210974676649E-02 a      1112     1    14     2     8
 -1.7439392824059174E+00 a      1113     1    14     2     9
  1.2141506250311607E+00 a      1114     1    14     2    10
 -1.5754778050173621E-01 a      1115     1    14     2    11
 -2.2676115614319856E-01 a      1116     1    14     2    12
 -1.8023653730127590E-01 a      1117     1    14     2    13
  1.8947521371870739E+00 a      1118     1    14     2    14
  4.5211827700643253E-01 a      1119     1    14     2    15
  9.8104676046035533E-01 a      1120     1    14     2    16
 -4.8173522944371860E-01 a      1121     1    14     2    17
  7.0486257463782598E-01 a      1122     1    14     2    18
 -8.6401867387297693E-01 a      1123     1    14     2    19
  2.3542115995877572E-01 a      1124     1    14     2    20
 -5.8268808248804899E-02 a      1125     1    14     2    21
  2.1150557843191513E+00 a      1126     1    14     2    22
 -4.0908561035168024E-02 a      1127     1    14     2    23
  2.6830013351580140E-02 a      1128     1    14     2    24
  6.1468496466018907E+00 a      1129     1    15     2     1
 -8.8176838979286942E-01 a      1130     1    15     2     2
 -7.5918007665162690E-01 a      1131     1    15     2     3
  1.7074799418233775E+00 a      1132     1    15     2     4
 -1.2220600797325067E+00 a      1133     1    15     2     5
 -1.1923226585477025E+00 a      1134     1    15     2     6
  2.4524543182087960E-01 a      1135     1    15     2     7
  2.7481330231278958E+00 a      1136     1    15     2     8
 -3.8920966428164716E-01 a      1137     1    15     2     9
 -1.8852876695466128E+00 a      1138     1    15     2    10
  1.1290547253172720E-01 a      1139     1    15     2    11
  3.6801083941442797E-01 a      1140     1    15     2    12
  1.4599120976022062E+00 a      1141     1    15     2    13
 -2.6895808421382110E+00 a      1142     1    15     2    14
  1.9407480860061485E-01 a      1143     1    15     2    15
  1.3842948501772179E+00 a      1144     1    15     2    16
 -2.8767195283948821E+00 a      1145     1    15     2    17
 -2.4298942495500140E+00 a      1146     1    15     2    18
  7.2146469989020745E-02 a      1147     1    15     2    19
 -4.5584131126528582E-01 a      1148     1    15     2    20
  2.3167027126193047E+00 a      1149     1    15     2    21
  1.9645615733025703E+00 a      1150     1    15     2    22
 -1.8232044532923779E+00 a      1151     1    15     2    23
 -8.2306009026866778E-01 a      1152     1    15     2    24
  5.5828628208528679E+00 a      1153     1    16     2     1
 -1.3403328331578872E+00 a      1154     1    16     2     2
 -9.8863708676132345E-01 a      1155     1    16     2     3
 -2.2443185952715483E+00 a      1156     1    16     2     4
  2.5724367447063634E+00 a      1157     1    16     2     5
 -1.9624658093330569E+00 a      1158     1    16     2     6
 -2.1731315518619132E-01 a      1159     1    16     2     7
 -2.7382293554881171E-01 a      1160     1    16     2     8
 -1.6161858897643984E+00 a      1161     1    16     2     9
  2.6169170650043498E+00 a      1162     1    16     2    10
  1.3021745736996726E+00 a      1163     1    16     2    11
 -3.7261727514863885E-01 a      1164     1    16     2    12
  7.0303690964745513E-01 a      1165     1    16     2    13
 -2.1982631439109284E+00 a      1166     1    16     2    14
 -1.5528862449776371E-01 a      1167     1    16     2    15
  2.6692503157062148E+00 a      1168     1    16     2    16
 -3.6575411151795897E-02 a      1169     1    16     2    17
 -1.5339588919294485E+00 a      1170     1    16     2    18
 -5.4592120516377252E-01 a      1171     1    16     2    19
  3.4255434871201723E-01 a      1172     1    16     2    20
  1.8182623201447212E+00 a      1173     1    16     2    21
  1.4880911898302793E+00 a      1174     1    16     2    22
  1.0027996104132473E+00 a      1175     1    16     2    23
 -6.2083649978281019E-01 a      1176     1    16     2    24
 -2.7431600953250843E+00 a      1177     1    17     2     1
 -9.4831423616516142E-01 a      1178     1    17     2     2
  1.6115607016362354E+00 a      1179     1    17     2     3
  1.4847048675574486E+00 a      1180     1    17     2     4
  3.8316535667170470E-01 a      1181     1    17     2     5
 -8.4110451498393879E-01 a      1182     1    17     2     6
  4.0904142818271205E-02 a      1183     1    17     2     7
  1.5416504525422681E-01 a      1184     1    17     2     8
  3.8943993676496613E-01 a      1185     1    17     2     9
 -2.4503768192630870E+00 a      1186     1    17     2    10
 -1.1421526583484725E+00 a      1187     1    17     2    11
  1.5394836305258894E-01 a      1188     1    17     2    12
 -1.6772698799819128E+00 a      1189     1    17     2    13
 -1.3979934392981248E+00 a      1190     1    17     2    14
  2.5133716086688201E-01 a      1191     1    17     2    15
 -1.3380261086201946E+00 a      1192     1    17     2    16
  2.9729988441115116E-02 a      1193     1    17     2    17
 -1.5203071264224963E+00 a      1194     1    17     2    18
 -7.5864013554351395E-01 a      1195     1    17     2    19
 -1.3552674938593006E+00 a      1196     1    17     2    20
  8.4366160305476789E-01 a      1197     1    17     2    21
 -9.6867230427907658E-01 a      1198     1    17     2    22
  1.1753515427369163E+00 a      1199     1    17     2    23
  1.3919100884602091E+00 a      1200     1    17     2    24
  8.5288154474557709E-01 a      1201     1    18     2     1
  6.7076834906767446E-01 a      1202     1    18     2     2
  2.0901099803061283E+00 a      1203     1    18     2     3
 -8.5761391232577477E-01 a      1204     1    18     2     4
 -1.3062668092115812E+00 a      1205     1    18     2     5
 -3.8288275786388931E-01 a      1206     1    18     2     6
  1.1405839445082979E+00 a      1207     1    18     2     7
  1.5281418667391105E+00 a      1208     1    18     2     8
  2.2092010641857667E+00 a      1209     1    18     2     9
 -1.2803080900739234E+00 a      1210     1    18     2    10
  7.1895224277113468E-01 a      1211     1    18     2    11
  1.1608575066986460E+00 a      1212     1    18     2    12
 -1.2522329499328706E+00 a      1213     1    18     2    13
  1.2140099176128558E+00 a      1214     1    18     2    14
 -1.8185958151023435E-01 a      1215     1    18     2    15
 -2.6487373127692631E+00 a      1216     1    18     2    16
 -6.2103496254932500E-01 a      1217     1    18     2    17
 -2.1922554109315677E+00 a      1218     1    18     2    18
  1.1736106465260663E+00 a      1219     1    18     2    19
  1.3422578453894367E+00 a      1220     1    18     2    20
 -3.8549270081221809E-01 a      1221     1    18     2    21
 -2.8193801671203711E+00 a      1222     1    18     2    22
  4.2367522917365352E-01 a      1223     1    18     2    23
 -6.6423770703739660E-01 a      1224     1    18     2    24
  2.8523751495274352E+00 a      1225     1    19     2     1
 -2.4521761517138114E+00 a      1226     1    19     2     2
 -5.7419709045041145E-01 a      1227     1    19     2     3
  1.1295560096827448E+00 a      1228     1    19     2     4
 -2.8728935394434418E-01 a      1229     1    19     2     5
 -2.8260588171552919E-01 a      1230     1    19     2     6
 -6.2562005661727471E-01 a      1231     1    19     2     7
 -4.0916189963081595E-01 a      1232     1    19     2     8
  1.2402796157594519E-01 a      1233     1    19     2     9
  2.5641666017601206E+00 a      1234     1    19     2    10
 -9.8374417758465349E-01 a      1235     1    19     2    11
  2.1499095503185287E-01 a      1236     1    19     2    12
  3.6194541966623555E+00 a      1237     1    19     2    13
 -9.9667920625632800E-01 a      1238     1    19     2    14
  3.2948912711602929E-01 a      1239     1    19     2    15
  2.0756813368617908E+00 a      1240     1    19     2    16
 -1.3377623153160010E+00 a      1241     1    19     2    17
  1.6607371445246506E+00 a      1242     1    19     2    18
 -5.0279661905549000E-01 a      1243     1    19     2    19
  6.2073055645547981E-01 a      1244     1    19     2    20
  2.8630623015674108E+00 a      1245     1    19     2    21
  1.5684508476516594E+00 a      1246     1    19     2    22
 -1.6510114286345041E+00 a      1247     1    19     2    23
  8.3191429523509308E-01 a      1248     1    19     2    24
 -2.4645907279864936E+00 a      1249     1    20     2     1
  1.8203800871920561E+00 a      1250     1    20     2     2
  1.2593083162432217E-01 a      1251     1    20     2     3
 -2.6201822882683836E+00 a      1252     1    20     2     4
 -4.0832653517574219E-01 a      1253     1    20     2     5
  1.2016677476408093E+00 a      1254     1    20     2     6
  4.9528415338686366E-01 a      1255     1    20     2     7
 -2.2583506276109366E-01 a      1256     1    20     2     8
 -1.5824959857689909E+00 a      1257     1    20     2     9
  2.3259621615155228E+00 a      1258     1    20     2    10
  5.0017933192930419E-01 a      1259     1    20     2    11
 -1.4188475311428089E-01 a      1260     1    20     2    12
 -2.9031783689756141E+00 a      1261     1    20     2    13
  1.7145652825711388E+00 a      1262     1    20     2    14
 -6.0331946944021511E-02 a      1263     1    20     2    15
 -1.1669809339297819E+00 a      1264     1    20     2    16
  9.2499603006761077E-01 a      1265     1    20     2    17
 -1.6808327514995656E+00 a      1266     1    20     2    18
  5.0361238891669979E-01 a      1267     1    20     2    19
  1.6376550530159406E+00 a      1268     1    20     2    20
 -3.9787448536514338E+00 a      1269     1    20     2    21
 -1.3194979785657381E+00 a      1270     1    20     2    22
  6.1305313242275650E-01 a      1271     1    20     2    23
  1.9553185940083710E+00 a      1272     1    20     2    24
 -5.7572195452826258E-01 a      1273     1    21     2     1
  9.0540528912606533E-01 a      1274     1    21     2     2
 -1.4051714130429269E+00 a      1275     1    21     2     3
  8.3543828632159278E-01 a      1276     1    21     2     4
 -2.0012720448344572E+00 a      1277     1    21     2     5
  3.9183629908063811E-01 a      1278     1    21     2     6
  1.7573250682938735E+00 a      1279     1    21     2     7
  1.6330220062462828E+00 a      1280     1    21     2     8
  1.5018961950082450E+00 a      1281     1    21     2     9
 -2.1782456946159479E+00 a      1282     1    21     2    10
  7.8370873902904636E-01 a      1283     1    21     2    11
  2.2523176879392112E-01 a      1284     1    21     2    12
  3.2451542625380148E+00 a      1285     1    21     2    13
 -4.2433999074404696E+00 a      1286     1    21     2    14
 -1.2625463965244793E-01 a      1287     1    21     2    15
  1.0930939000975053E+00 a      1288     1    21     2    16
 -1.9088129998986772E-01 a      1289     1    21     2    17
 -1.4174426904054978E+00 a      1290     1    21     2    18
 -1.1558626114964548E+00 a      1291     1    21     2    19
 -4.5265423331952642E-01 a      1292     1    21     2    20
  2.2812794887591754E+00 a      1293     1    21     2    21
 -3.3718107553798120E+00 a      1294     1    21     2    22
 -1.5101181178386929E+00 a      1295     1    21     2    23
  5.0433455699970065E-01 a      1296     1    21     2    24
 -4.1694979199628648E+00 a      1297     1    22     2     1
 -5.0451219477285525E-01 a      1298     1    22     2     2
 -3.3713596931579437E-01 a      1299     1    22     2     3
  1.0708871761555647E+00 a      1300     1    22     2     4
 -1.2673565077058702E+00 a      1301     1    22     2     5
 -1.7325981808410338E+00 a      1302     1    22     2     6
 -4.6820943162479245E-01 a      1303     1    22     2     7
 -2.3903725169149035E+00 a      1304     1    22     2     8
 -4.6028157206610393E-01 a      1305     1    22     2     9
 -1.1324537987158447E+00 a      1306     1    22     2    10
 -1.7490959674623427E-01 a      1307     1    22     2    11
 -1.1584928802110921E+00 a      1308     1    22     2    12
  1.3501924347883612E+00 a      1309     1    22     2    13
 -1.2821425001648645E+00 a      1310     1    22     2    14
 -8.9913929998952924E-01 a      1311     1    22     2    15
  6.7720610460296504E-01 a      1312     1    22     2    16
 -9.6243212787887966E-01 a      1313     1    22     2    17
 -9.7279181672696613E-01 a      1314     1    22     2    18
 -1.2870295713417501E+00 a      1315     1    22     2    19
 -1.5861741338320507E+00 a      1316     1    22     2    20
 -2.6815230378609606E-01 a      1317     1    22     2    21
  1.2585789132775429E+00 a      1318     1    22     2    22
  1.0402033105835098E+00 a      1319     1    22     2    23
  1.4970868787129830E+00 a      1320     1    22     2    24
 -5.8332683123119713E+00 a      1321     1    23     2     1
  1.2145970726818291E+00 a      1322     1    23     2     2
  5.9912332665341794E-01 a      1323     1    23     2     3
  9.1452830511674299E-01 a      1324     1    23     2     4
 -1.3056728908909665E+00 a      1325     1    23     2     5
 -8.8218672085808503E-01 a      1326     1    23     2     6
 -2.2427345072248741E+00 a      1327     1    23     2     7
  3.1512496411925073E-01 a      1328     1    23     2     8
  1.5866333069722207E+00 a      1329     1    23     2     9
 -5.2714515255324268E-01 a      1330     1    23     2    10
 -1.3336834796195494E+00 a      1331     1    23     2    11
  7.3681814300171833E-01 a      1332     1    23     2    12
  8.0426674014286847E-01 a      1333     1    23     2    13
 -2.4583273133681351E+00 a      1334     1    23     2    14
  5.9195000550728016E-01 a      1335     1    23     2    15
  5.7363248964499181E-01 a      1336     1    23     2    16
 -6.8165252869802939E-01 a      1337     1    23     2    17
 -1.7966264140752537E+00 a      1338     1    23     2    18
  7.4713534783914726E-01 a      1339     1    23     2    19
  6.7594323122617728E-01 a      1340     1    23     2    20
 -3.7341804103433890E-01 a      1341     1    23     2    21
  9.1989715021080010E-01 a      1342     1    23     2    22
  1.7398588061761842E+00 a      1343     1    23     2    23
  1.6701872444676376E+00 a      1344     1    23     2    24
  4.1975671620875987E+00 a      1345     1    24     2     1
 -1.7419865958103260E+00 a      1346     1    24     2     2
 -8.7430414823418279E-01 a      1347     1    24     2     3
  3.3042413603107419E+00 a      1348     1    24     2     4
  1.5133095028389427E+00 a      1349     1    24     2     5
  7.1964865583516491E-01 a      1350     1    24     2     6
 -7.6367272065744440E-01 a      1351     1    24     2     7
  2.2573691888327914E+00 a      1352     1    24     2     8
 -3.3343074606542050E-01 a      1353     1    24     2     9
 -4.2188338039007783E-01 a      1354     1    24     2    10
 -2.2430859007496720E+00 a      1355     1    24     2    11
 -1.2521950241806659E-01 a      1356     1    24     2    12
  1.3124668710675675E+00 a      1357     1    24     2    13
  9.9556079376128412E-02 a      1358     1    24     2    14
  3.6601557661394640E-01 a      1359     1    24     2    15
  1.4787045570746515E+00 a      1360     1    24     2    16
  6.8602956361538758E-01 a      1361     1    24     2    17
  2.4872444116047925E+00 a      1362     1    24     2    18
  2.1072587267757363E+00 a      1363     1    24     2    19
 -2.9435337257488259E-01 a      1364     1    24     2    20
 -5.5291783114754700E-01 a      1365     1    24     2    21
  4.2754763220525033E-01 a      1366     1    24     2    22
  2.1954505422227158E-01 a      1367     1    24     2    23
  2.9522505318973141E-01 a      1368     1    24     2    24
 -1.5525388036559374E+01 b      1369     2     1
 -7.3391877485566759E-01 b      1370     2     2
  5.6471280888910447E-01 b      1371     2     3
  3.4301873594713905E+00 b      1372     2     4
 -5.4191531701891451E+00 b      1373     2     5
 -1.7654590160575059E+00 b      1374     2     6
  1.9834882525294604E+00 b      1375     2     7
 -2.3585183258464517E+00 b      1376     2     8
 -8.1384023567643793E-01 b      1377     2     9
 -4.2980393904595324E+00 b      1378     2    10
 -4.9872172638178869E-01 b      1379     2    11
 -1.8725100434386788E+00 b      1380     2    12
 -1.0358855930252031E+00 b      1381     2    13
  2.8912787632565045E+00 b      1382     2    14
 -1.0062525654865712E-01 b      1383     2    15
 -1.1694553480693664E+00 b      1384     2    16
 -4.6608555032264292E+00 b      1385     2    17
  5.1959548258902521E-01 b      1386     2    18
 -1.4447385938464468E+00 b      1387     2    19
 -1.2252658430527801E+00 b      1388     2    20
 -5.7023019588790964E+00 b      1389     2    21
  4.3911298782370674E+00 b      1390     2    22
 -1.5529872505897604E+00 b      1391     2    23
 -5.9600996168289955E+00 b      1392     2    24
  1.0000351614375193E-01 a      1393     2     1     3     1
  4.3278939158457425E-01 a      1394     2     2     3     1
 -8.2515931634267581E-01 a      1395     2     3     3     1
 -2.3436962506094539E-01 a      1396     2     4     3     1
 -6.1217964706245942E-01 a      1397     2     5     3     1
 -6.2497239621127121E-01 a      1398     2     6     3     1
  7.8569196596520263E-01 a      1399     2     7     3     1
 -3.5162214478922693E-01 a      1400     2     8     3     1
  2.2620951469978035E-01 a      1401     2     9     3     1
 -2.7909277112363743E-02 a      1402     2    10     3     1
 -7.5784610479028192E-01 a      1403     2    11     3     1
  1.0334809116849075E+00 a      1404     2    12     3     1
 -1.0583758079144516E-01 a      1405     2    13     3     1
  6.5156693892205997E-01 a      1406     2    14     3     1
  1.0734668761731185E+00 a      1407     2    15     3     1
  6.8969226629390545E-01 a      1408     2    16     3     1
  8.9776720938890264E-01 a      1409     2    17     3     1
  5.5237108883392638E-01 a      1410     2    18     3     1
  8.3916602585372568E-01 a      1411     2    19     3     1
 -6.8059216789035193E-01 a      1412     2    20     3     1
 -1.0795625515276518E-01 a      1413     2    21     3     1
 -3.4091971488508488E-01 a      1414     2    22     3     1
  7.5163385568494978E-01 a      1415     2    23     3     1
 -1.6892983105580461E-01 a      1416     2    24     3     1
 -1.4328141147046350E-01 b      1417     3     1
