     -1.2150578596
      1.8427816626
     -1.2126969677
     -1.1390351000
      1.5062702841
      0.3125971373
     -2.2571984127
     -1.8929889912
     -0.3645848363
     -1.2224865306
     -1.1908224130
      0.6692549327
     -0.1746918717
     -0.1299091420
      1.1689591644
     -0.0489197567
     -0.1253952902
      0.1380200748
      1.0729888947
     -0.2984039951
     -0.3109561134
     -0.1007890160
     -0.7881840865
      0.1582290887
      1.1443769013
     -0.8071435785
      2.1410060524
      0.3834488664
     -0.3817446676
     -0.5831539147
     -0.9574391693
      2.8167828281
     -1.4738725970
     -0.4570807330
     -1.5156891479
      1.5170109414
      0.3208450315
     -1.3363625082
     -0.3929597674
      0.3507677239
      0.5183908129
     -0.7464894363
      1.6862684530
      0.7260261908
      0.7815894291
     -0.3887821250
      0.2278443902
     -0.7919102621
     -0.1084058825
     -2.1474197828
      0.4527029306
     -0.4611562215
     -0.2193121382
     -1.5713564802
     -0.1207054018
      0.9551076992
     -2.1766545573
     -2.9444103538
     -0.6560520029
      1.3514514653
      1.7007821527
     -1.5247799089
      0.8934120189
      0.1205883955
     -1.7416605313
      0.6521284728
     -0.8857126856
      0.1900640375
      1.1116788111
     -0.9192682079
      1.2780693101
     -0.2707460368
     -0.6670718789
     -0.6050362249
     -0.6977169628
     -0.7490524853
     -2.3887188131
      0.9104183318
     -0.6000389218
     -0.0938051024
     -0.0672887352
     -1.0736984325
      1.0052371318
     -0.0385966177
     -0.9318197506
     -0.5034688182
     -2.1911840630
     -0.0226266531
      1.0181535136
      2.5946529734
     -1.0497769472
     -1.1718523135
     -2.2645813992
      1.1963458506
     -1.3971578272
     -0.6189425362
     -0.4472608242
      1.1258237261
     -0.8341373187
      0.0364372682
      0.0812964702
      2.5562806414
      2.2921098032
     -1.8931854359
      1.2998845487
     -2.9284267183
      1.8264790259
     -0.1960080932
     -2.5255279517
      0.2715600289
     -0.6725078619
      0.2134416033
     -2.0168200876
     -0.8400997486
      0.9078604710
      0.0972821773
      0.7548426235
      0.0251167912
     -1.4123467005
      1.2451285681
     -0.7210774737
      0.8340085658
     -1.5245111778
     -1.3752393240
     -1.0281343480
      0.8637448980
      4.1867467331
      2.2890305713
      1.8202223800
     -1.7784593544
      0.5194802436
      1.0805564480
     -1.9302229972
      0.6153446414
     -4.4355158319
     -0.0869825133
     -1.4442355100
     -1.1510214020
      1.1579816596
     -1.6238564385
      0.3321393996
     -0.3328298298
     -0.5387790853
      3.0846112568
     -0.6779746830
     -0.2188092604
     -1.3461655638
      0.0141831438
      1.3271709491
     -0.3671449882
     -2.9374399075
     -1.4015309903
      0.4916635789
      5.3761684605
     -0.6008602678
      1.1901827353
     -1.4286487972
      1.0658277536
     -3.5826153816
     -0.2055866617
     -0.5435640893
     -0.9093114715
     -1.2528984658
      0.4985441642
      0.9594708178
      1.4172919560
     -2.9542743684
      0.1412658484
     -0.1622918421
      0.8830434102
     -1.5482952229
      0.7033218083
      3.8213612728
      1.1582138081
      3.6386318492
      2.6943084525
     -1.3376764090
     -7.4940827706
      2.0674665325
      1.7952392000
     -1.3000812743
      1.1119112059
      4.4977387225
      0.1051154256
      2.6440521947
     -3.4429260909
      0.0343473793
      1.8861533190
      3.5380363376
     -3.8609517323
     -2.7821726360
      0.3784731208
      0.2491124860
     -0.6494630741
      0.1439076110
     -0.0104223734
      0.1306900008
     -1.2331242622
     -0.7835669474
      0.1118328592
     -0.3391412378
     -0.0737668590
     -0.2230353565
      0.1893754257
      0.0617840872
     -0.1803921353
     -0.1901539117
     -0.0633206489
      0.1752273300
     -0.1834909508
      0.3345656955
      0.3237193899
      0.7534778462
     -0.1495841774
      0.0327036475
      0.3114793811
     -0.5730493210
     -1.0886502109
     -0.0296668511
      0.6746415381
     -0.7916399970
     -0.0209598366
     -0.3257178807
     -0.8028147363
      0.0507779684
     -0.7656697623
      0.9629534431
      0.4209767476
     -0.0161403283
      0.3579747920
      0.3720036678
      0.1951121729
     -0.9245627842
     -0.2119759932
      0.7094559348
     -1.2983793406
     -1.6940367610
      0.7647982857
     -0.5477792139
      0.3082359005
     -0.1059686205
      1.0188782018
      0.9290892055
      0.2794438951
     -0.8113327649
      0.6559472810
      0.4932016817
      0.3816956029
     -1.3992799993
      1.1292246201
      1.9998480251
     -0.5319546947
      0.1180727299
      0.1452698258
      0.7350570991
     -0.1645219194
      1.0252241418
     -0.7624765131
      0.2202288384
      0.4931997001
     -0.3599906905
      2.1815815563
      2.1451884817
      1.6283430502
     -0.4414120678
     -0.4559949469
      0.2833667382
      0.1606831336
      0.3871785835
     -1.1627975258
     -0.2500227854
     -0.9286696260
     -0.3707176453
      0.7242083977
      0.4609169570
      0.8456286361
      3.1909653523
      0.0261283373
      0.6759511328
      0.1925146005
     -0.3720524974
      0.4730624100
     -0.2726660028
     -1.1338093346
      0.5566534890
     -1.0032057246
      0.1753447717
      0.3398970103
     -0.7499445607
     -0.4015668855
      0.2269709710
      0.6642906016
     -1.0012518968
      0.1619102776
      0.2720881778
      0.3954767755
     -0.6431347443
      0.2871873830
     -0.3083089728
      0.5984714009
     -0.5569531272
     -0.2134289832
      0.2220487575
     -0.5925860810
      0.0853864993
     -0.0541932796
      0.3243301849
     -0.6922095813
     -0.3798479377
     -0.0635225012
     -0.7257156252
      0.1252610677
      0.7657616178
      0.6178046249
      1.4430812476
     -0.0780737471
      2.7441367049
      3.6344682358
     -0.3001941166
      0.7322311663
      1.0303800326
     -1.2265550584
     -0.6848592918
      0.7224617412
     -1.7743837780
     -0.8143549077
      3.0192076449
      0.2774114676
     -2.5982594854
     -2.0565429531
      0.1362281858
      2.5611449574
      0.6795546884
      1.1505074588
     -0.1746369460
      1.1459311792
      0.3714167258
      1.8833360368
     -1.7323114879
     -0.5343911694
      1.4146940442
      0.6657810220
     -0.5010202583
      2.5488316804
     -0.6813423261
     -0.3390173888
      0.7279768311
      0.4284639794
     -0.0803247039
     -1.7699634284
     -1.0658449173
     -0.5188813990
     -2.2738150715
     -1.2417784046
     -0.1579675426
      1.7621815188
     -0.7794322123
      0.2434677026
     -0.2872201592
     -0.9516594080
     -0.9845110561
      0.3745027636
     -1.8741278311
      0.9260953898
      0.6076347075
      0.6820930655
     -0.5021285511
      0.3379061848
      0.4702585302
      0.9328539954
      0.9208753295
     -0.4298381266
     -0.1476693236
      0.9753814623
      0.7984406928
     -0.5996574482
     -1.5388132295
      0.9090736428
      0.8195330826
     -0.3027576710
     -1.1342247078
      0.3367687878
      0.1770611452
      1.0341186454
     -1.1180006617
     -2.1603439455
      0.4518689570
     -0.2681715634
      2.8137722579
      1.4350157734
     -0.5127844051
      0.5664506834
     -1.3633446688
     -0.4659296665
      0.1379109414
     -0.1371795020
     -1.0520601830
     -1.7690967906
      0.4464030767
      0.2572222168
     -0.7912565772
     -0.3413315628
      1.9059106958
      1.2410078162
     -0.4224788169
     -1.6820296460
     -0.4902769862
      0.4257203545
      0.6011416940
     -0.4364111078
      0.4361476122
      0.0838342060
     -0.9180541245
      0.4486417472
      1.0389706250
     -0.0957050695
      0.1877089748
     -0.0307514305
      0.7935014900
     -0.1658026411
      0.3327415084
      0.0681744349
     -0.3490562128
      0.4140327209
      0.3758224617
      0.3607820561
      0.0072940623
     -0.2190888193
     -0.4699464874
      0.4190052477
      0.0893216231
     -0.0934150995
      0.9136129431
      0.6790345623
      0.1162092966
     -1.0245285607
      0.6007061481
      0.1585811191
     -0.0423541544
     -0.2948320805
      0.0946633781
     -0.0998229011
     -0.0240356326
     -0.7847603267
      0.5063279565
      0.3534260274
     -0.1711731496
      0.1215759007
     -0.1677729877
      0.3652082806
     -0.5134900384
      0.9481228731
      1.0322558817
      0.2453384443
      0.3207270589
     -0.0832746104
      0.1766987891
     -0.3031436467
     -0.1063270139
      0.1812288453
      0.5429830452
     -0.0968433188
     -0.6024643126
     -0.4634523747
      1.1274593257
     -0.8555561223
     -1.1671924610
     -0.8764759141
     -0.0808116895
      0.3831503867
      0.1033073645
      0.0154523313
     -0.1813673395
      0.2649892923
      0.0115665751
     -0.5058406476
      0.6434800875
     -1.0971407004
     -1.9172091670
     -0.2966482710
     -0.6120146775
      0.3273297539
     -0.2780428696
      0.1877419169
      0.5012112194
     -0.1453677141
     -0.0990655083
     -0.2720216941
     -0.0762803931
      0.1502544640
     -0.5637485401
     -0.7758095507
     -0.6353244003
      0.4340767341
     -0.0368413078
      1.0115395571
      0.2537448599
      0.0734812017
     -0.9106400900
      0.2097339055
      0.3976334685
      0.0602754030
     -0.1329440152
      0.2468148549
     -0.2882526466
      0.2281136012
     -0.2516396591
      0.3551299507
     -1.3380224992
     -0.4955837332
      0.5359644171
      0.3306853970
     -0.5466888926
      0.8247073365
      0.7325842364
      0.1615192304
      0.4734634313
      0.1031778508
     -0.6614125579
      0.3392541056
      0.4817552619
      0.7775450041
     -0.0363213999
     -0.2336645910
     -0.2312527317
      0.8308448163
      1.1013949191
     -0.0393272269
     -0.3916258686
      1.2884381951
     -0.4885381933
     -0.3516854955
      0.7481833627
      0.2386806653
     -0.1524652941
     -2.5390692848
     -0.3506377510
     -0.3415186889
     -0.6854913753
     -1.0065078094
     -0.0861649402
     -0.6072010342
      0.2622160717
      0.2963185983
     -0.4183994628
     -1.4334405247
     -0.7442488814
      1.1646790241
      0.6793774422
     -0.0176956867
     -0.0277620483
     -1.1570419689
     -1.6626278474
      0.2197859214
     -0.5247148636
      0.3160223844
      0.6257202540
     -0.3492787133
     -0.5116482421
      0.0428101610
      0.9094207962
      0.2838701402
      1.0588635508
     -0.4827889302
      0.1925745648
     -0.1819792883
      0.6989573330
      0.2015357378
      0.5817458988
      0.3461065214
      1.4578451746
      0.4534322029
     -0.3698512384
     -0.1282579902
      0.8215520343
     -0.8106025382
      1.2613142526
     -2.5041784515
      0.5774660410
      0.1396708990
      0.9963534731
      0.7710198550
      0.2840249885
     -0.8451238921
     -1.6526973206
     -0.1089308068
     -0.0112277005
      0.5516893274
     -0.0216176211
     -1.5732213535
      0.0220156739
     -0.9914608183
      0.4298727476
      0.1440755166
      1.1600186563
      0.4767628805
     -0.3577623470
     -0.1392528055
     -0.0568676383
     -0.6466716430
      0.4648644019
     -1.9112012933
      0.2900494369
     -0.0989818868
     -0.0625036063
     -0.1871585726
     -0.6399048219
      0.0560285869
      0.5850835308
      0.0681059702
      0.0737081076
      1.4410402814
      0.6274050890
      0.4412469356
      0.5691446227
     -1.1200546708
      0.3050847591
      1.2054051903
      1.6545177759
     -0.4984639048
     -0.1111084112
     -0.5228456446
      0.4686034960
      0.7198806329
      0.3777818505
     -0.8649397813
     -0.0050074838
      0.4488911184
     -1.1941619947
     -0.2604004490
      0.3993784528
      0.0921806621
     -0.7222629379
     -0.3199061082
     -0.6833605811
      0.8262591689
      0.1529896441
     -0.0402521691
     -0.1420890073
      0.3056224397
     -0.1018119595
     -0.4672703402
     -0.5525923784
     -0.5084047909
     -0.7875230172
     -0.3209757060
     -0.7280758843
      0.2195132211
      0.2667915771
      1.2929628571
     -0.5241187190
      0.1374212173
     -0.3446114617
     -0.2582548336
      0.1308969161
      0.5997354255
      0.3870944630
      0.2097808431
      0.1689155803
     -0.2829360504
     -0.0641143893
     -0.0670085594
     -0.1200339469
      0.4543256116
      0.0945197304
     -0.3530716081
     -0.9855968402
      0.0373257510
     -0.0103618670
      0.2042978444
      0.2989895595
      0.6429205012
      0.3034341058
      0.4117810622
     -0.0551223448
     -0.3393516227
     -0.3676326263
      1.1225875715
     -0.3115851263
      0.6605077942
      0.1422305655
     -0.6001310187
     -0.4431751949
      0.2341444053
     -2.0794853262
     -0.0434681308
      0.1674000522
     -0.6557961227
     -0.4790032849
     -0.1240651172
      0.3412796069
      0.7846776151
     -0.2269517777
      0.6811950567
     -0.2468652181
     -0.5303517169
      0.0747694484
     -0.3289797792
     -1.4013011331
     -0.2263109681
     -1.3919335066
     -2.0505910428
      0.1465416831
     -0.0137614974
     -1.0584274735
      0.7463130242
      0.6487270370
     -0.0712396456
      0.6557293974
     -0.4538914168
     -1.9918408653
      0.0800716738
      1.2204505618
      1.0488207057
      0.0635455152
     -1.2259375744
     -0.5257738736
     -0.8222105093
      0.3456016624
     -0.4612935454
      0.2282418269
      0.3162862300
     -0.2736921802
     -0.2593067394
      0.1392792361
     -0.4711176204
     -0.7053608907
      0.1851572467
     -0.6374275949
      0.7290445680
     -0.1299243739
     -0.2565855596
      0.2501960119
      0.2465383138
     -0.4382494454
      0.1987266186
      0.1383857261
      0.0503974893
      0.1955264023
      0.0801403616
     -0.1263442347
      0.2290261765
      0.5380033588
      0.0877613446
      0.3194719667
     -0.2143695456
     -0.0336441246
     -0.1495208869
     -0.1125470176
     -0.3592031964
     -0.5647494682
      0.1533643561
     -0.1798939189
      0.5968972666
     -0.1184495590
      0.2912292175
     -0.1169494894
     -0.2704662842
     -0.1901741016
      0.1855462056
      0.2949914859
      0.0567237728
     -0.2707911940
      0.3367260185
      0.0225261682
     -0.1162197868
      0.1394461602
      0.0438854179
     -0.2395875498
      0.1856060567
     -0.0460540147
     -0.2107494112
     -0.0018774033
      0.8044487227
      0.1313110856
      0.0403912038
      0.7608342779
      0.0836611867
     -0.0746145693
     -0.2403427016
     -0.0104543869
      0.2682064021
     -0.0028890031
      0.1861944797
     -0.2405671946
     -0.1320890080
     -0.0006338442
     -0.4177994711
      0.1144178266
     -0.2832681309
     -1.0523363292
     -0.6504731086
      0.0826504687
     -0.7470940824
     -0.2788505275
     -0.0416223276
      0.6073578361
     -2.0614081564
     -5.7582565578
     -1.9293414809
      0.7556145316
      4.8860836665
     -6.7043786401
      0.0838648997
      0.1490762254
     -0.0807385163
     -3.0285286584
     -0.2536236771
     -1.2897804583
      0.7708096529
      0.0199971303
      2.0313008575
     -0.4373157909
      1.8663992296
     -0.3753977214
      0.2710368590
     -0.0739917875
     -0.7230423453
      0.3118005177
      0.1205269209
      0.1205549670
     -0.7679176303
     -2.1561943763
     -0.8802543138
      0.1293848761
      1.3684565487
     -1.6753494741
     -0.2658631987
      0.2334257343
     -0.1337097041
     -0.8920981881
     -0.0842930988
     -0.2984767631
      0.2265929760
     -0.3198248543
      0.7668412476
     -0.0758006378
      0.7631291594
     -0.0663457270
      0.1302364855
      0.2137831422
     -0.8141780834
      0.2500731452
      0.2582584851
      0.0433835241
     -1.1087013025
     -2.4609103862
     -0.8452814494
     -0.2227387250
      2.2551856690
     -3.8211757888
      0.0696093221
     -0.1881318086
     -0.0034880020
     -0.9560451896
      0.2760385638
     -0.6021752811
      0.4177683107
     -0.0034294455
      1.4710693640
      0.1067106504
      0.3851347052
      0.1319337359
      0.4160364837
      0.2025792248
      0.2534691854
      0.5333431535
     -0.0173091549
     -0.3677600042
      0.9616142730
     -1.1805584738
      0.2244651549
     -0.0984766524
      0.8865666503
      0.1195400360
     -0.1586570540
      0.2425182014
     -0.7212226466
     -0.0837239191
     -0.2371685704
      0.3888656815
      0.0992116804
     -0.2278906899
     -1.0862076065
     -0.4099591847
      0.6247415466
     -0.3345406884
     -0.3693686768
     -0.0032825647
     -0.0616619301
      0.0762073213
      0.3192333305
     -0.0800150892
     -1.4859028077
     -0.8403130542
      0.0425312578
     -0.5664026037
     -0.4736417415
     -1.1496464311
     -0.3571818314
     -0.8286293306
      0.1399600480
     -0.0270939790
     -0.2419886627
      0.1757125619
      0.1334999648
     -0.4173248079
      1.1883453233
     -0.2769178190
      1.1151141748
      1.3396866976
      0.2528249573
     -0.2628926445
     -0.8964549436
     -0.6527911443
     -0.2121410988
      0.8088811640
      0.0839471972
     -2.6902346084
     -1.6255684727
     -0.2184423048
      0.7241324687
     -4.7810574542
      0.0783881256
      0.4082589629
      0.6938546191
     -1.8278429256
      0.0250071259
     -0.4653040557
      0.4416115076
      0.3592406328
      0.4942911164
      0.8147088834
      0.3032392853
      1.8301220198
      0.2402318570
     -0.1624040189
     -0.7995821155
      0.1547978244
     -0.3738986727
     -0.0026118853
     -1.0339914933
     -0.3381818600
      0.3762418512
     -1.9523220908
      2.7834805785
     -0.4110275577
      0.0582457635
      0.4380327545
      0.1734978245
      0.0191557199
      0.3946758123
     -0.2965929196
     -0.9972292295
      0.4362270444
      1.7403801152
      1.1985104279
     -0.9876226760
      1.7192381945
      1.1073528600
      0.6052158434
     -0.7328656119
      0.5372604081
      1.1322963331
      0.4031562371
     -3.3233999743
     -1.1267446243
      0.4581823072
     -1.7265717776
      4.2383353586
     -1.7753957507
      0.4568024010
      0.4573165166
     -0.0999919769
     -0.1560697650
      0.1326655080
     -0.4676120971
     -1.6933136841
     -0.0034562892
      3.8213134836
      1.0340610703
      1.8020820146
      1.8369986136
      1.3390843062
      0.5911370221
      0.0780432988
      0.1992052794
      0.1836149510
     -0.3641714257
      0.3574331895
     -1.3343376835
      0.2365590072
     -0.5976411283
      1.2790380462
      0.2987567014
     -0.8399013188
      0.7172804068
      0.1891312081
     -0.5285889728
     -0.2631638698
      1.1014311538
     -0.0447866678
     -0.6157986639
      0.3949279049
     -0.4833562211
      1.2053978249
      0.6193760312
      1.0464177499
     -0.4818405569
      0.6949183888
     -0.3297081707
     -1.0190870161
     -0.4909574003
      1.3042897694
      0.2503023173
      0.1380784561
      1.1206374599
      0.3246337278
      0.1524020853
     -0.4039117922
     -0.4815869195
      0.2597309452
     -0.0399640570
     -0.4599450580
      0.4326565969
     -0.1220400643
     -1.2238780945
      1.4295863291
     -0.3312660979
     -0.6609550198
      0.3675163752
     -0.3035595717
     -0.8043015012
     -1.1972962396
     -0.9388828821
     -2.5583464315
     -3.1128575957
      1.7128667445
      0.2652301876
      0.0176142826
      1.3275884348
      2.4527956594
      0.0040075657
     -0.9241946619
     -0.9299444737
      1.7447489344
     -1.4723625746
     -0.1147233763
      0.7445671903
      0.7752762634
     -0.0139871393
     -0.8801889906
      0.2153187962
      0.2882919219
     -0.5447601543
     -0.0601231374
      0.2379959028
     -1.3988552216
     -0.2386534376
     -0.4140693436
      0.9155369318
      0.0931643016
      0.7427903786
     -0.4427294670
     -0.3831853409
      1.4733691537
      1.5314335952
     -0.2293100509
     -1.1282909173
      0.1587979762
     -0.8955732969
      0.2228077229
     -0.1540533470
      0.3144921781
      0.8166435624
      0.8535535037
     -0.8341295033
     -3.0222415425
     -0.6836053128
      0.3304777378
      1.4611695016
     -0.4830916150
      0.2262530246
      0.0381090720
      1.0583201157
      1.9506195243
      4.3487874441
     -0.1790426257
      1.9227644421
      0.6354903848
      0.8186636494
      1.2822134060
      0.0804104491
     -0.4325243786
     -3.0157573947
     -0.0445326993
     -1.9591616303
     -0.4853606530
     -1.0481515726
     -1.3000655817
     -0.7677382910
     -1.1263459746
     -2.6574480777
      0.0405112841
     -0.2716841481
      1.2079945247
     -0.4394279830
      0.3823547585
      5.3873206566
      3.1981140970
      0.7571997753
     -3.1935571753
      1.5162493468
      0.9924878019
     -0.2172347384
     -1.1681757526
     -0.4310071211
     -0.6453668059
      0.2763350062
     -0.2118505303
      0.3590294015
     -2.6552020938
      0.6012401417
     -1.3151451134
     -1.1848625141
     -0.7191562654
      0.7680649121
     -0.5716287794
     -0.1836531373
     -0.0507165948
      0.3714665231
     -0.4462399874
     -0.4599216433
     -4.8412975644
     -4.1461766591
     -0.7042860784
     -4.1938628992
     -2.5328466415
     -4.9439717920
      0.1367883685
      0.7127667102
      0.0703584101
     -1.1915145368
     -0.0161174281
      0.0621196430
      0.6989532492
      0.8032052220
      3.9746051715
     -0.0988854933
     -0.8460766131
      2.0323307644
      0.5384476971
     -0.0861981236
      0.2578147827
     -0.0200116634
      0.1920984129
      0.0699985276
     -0.1323355582
     -0.1854209597
     -0.2294904045
     -0.3061813396
      0.6955523392
     -0.0534297563
      0.2769677699
      0.1199579110
     -0.1612620972
     -0.1214624164
      0.2491305457
      0.1453434167
      0.2190809693
      0.2632471494
     -0.1675546092
     -0.1456546026
      0.4413845401
      0.2945354567
      0.0159731512
      0.2028461536
     -0.1225113663
      0.2257575393
      0.1745292839
      0.0293442758
     -1.2705585668
     -0.9354147701
      0.1929877706
     -1.1096180388
      0.9544544536
     -0.7837438786
      0.1570943519
      0.5774554931
     -0.1207203311
     -0.1939627523
      0.2085412242
      0.2673389583
     -0.4539756342
     -0.0757989892
      0.5528928882
      0.6459995067
      0.3584292607
      0.8770331475
      0.4851696731
      0.1795198704
      0.0952507664
      0.3681892238
      0.1941948383
      0.6278773947
     -1.2265154198
     -0.6676890201
      2.3354066120
     -5.4323799429
     -2.9034350425
      1.2395223630
      0.2716633244
      0.5594390125
     -0.2667802213
      3.8756564697
      0.1681528304
      1.7494002845
     -1.6102207429
      0.2679368123
      2.9377934454
      2.0300703219
     -0.6429688295
      4.4322229304
      0.3343540931
     -0.0274429758
      0.8514855858
      0.1630767895
     -0.3998629671
     -1.0523501634
      0.5895030583
      2.3960592768
     -0.9256575218
      4.0808902813
     -0.0773246153
      2.2330781791
      0.1064482186
      0.1829732702
      0.0895519396
     -3.7672620304
      0.2347995545
     -1.4426521344
      1.9303809973
     -0.8417237118
     -3.0901219255
     -1.2849131754
      0.3940483425
     -3.6585229337
     -0.4814528695
      0.4282275054
     -0.1422812662
     -0.2250615216
     -0.2342579768
     -0.1896372200
      1.0406908856
      0.8548437436
      0.2818626412
      0.7881464791
     -1.6688824036
      0.7765399674
     -0.6544607800
     -0.3636981296
      0.2251867049
     -0.1444287572
     -0.0213610440
      0.3654778567
     -0.0920881257
     -0.0475757109
     -0.0844789599
     -0.8198159686
     -0.1812890465
     -0.4160275079
      0.1240268067
      0.1058817000
     -1.9444060740
      0.3499418092
     -0.3872842082
     -2.0358045578
     -2.3753924575
      0.2194709674
      2.3506613018
     -4.0217107404
     -1.5689875422
      2.3472114409
      0.1776094825
     -0.1469646651
      0.9656660070
      3.7158843874
     -0.0157164344
      0.4833820926
     -2.0322535399
     -0.9808744485
      1.3746168706
      2.4670617936
     -1.2271321097
      2.0240172425
      0.1512529947
      0.9639569695
     -1.9931818825
      0.9906037785
      0.1644177265
     -0.0933613369
     -3.3198823241
     -2.0269761398
     -0.0217283677
     -4.2658892624
      2.3906182212
     -2.1908418202
      1.2771189865
      0.3637333933
      0.0623685070
     -2.1926101624
      0.1528326112
     -0.6307282639
     -0.0135420477
     -0.5930230132
      0.8493943393
      0.6177189686
      1.1611207586
      2.8804787318
      1.4677052760
     -0.2517053460
      0.9351884610
      0.1354823589
     -0.6549098043
      1.7910678017
     -1.8536234249
      0.0077953385
     -1.1158265348
     -3.6657942950
     -1.1128104031
     -8.1610973862
     -0.5010147037
      0.5302028269
     -0.5083567331
      0.4343325182
     -0.1172400304
      2.7353311605
     -1.0826357213
      0.1821874360
      4.8842899176
      0.0986104101
      0.1140755882
      4.6741359911
      1.6511627855
     -0.1170662467
      0.1740571678
      0.2725575100
     -0.0328649236
      0.0056800312
      0.3654365407
     -0.4946375314
      0.1462495600
     -0.4064746634
      0.6578756080
     -0.1284939543
     -0.0995581330
      0.1790146258
      0.0164246630
      0.0905635429
      0.0005569510
     -0.0990232445
      0.2250597892
     -0.3708990977
     -0.0639385048
     -0.0418800732
      0.3842851783
      0.2305670099
      0.2437237827
     -0.3689210217
     -0.0425864641
     -0.0936262748
     -0.3058558787
      0.3804724029
      0.5593649214
     -0.7775313769
     -0.7641222195
      0.3907617180
      0.0280435565
     -1.4073763380
      0.0392340894
     -0.5243903633
      0.4172701099
     -0.8751700395
      0.1630255393
     -0.1700586669
      0.7006405624
      0.0958694030
     -0.8983005426
     -0.3830285038
      0.1940373211
      0.3769618645
      0.0646837036
     -0.0848529766
     -1.3116433737
     -0.0583395795
      0.4788518279
      0.5065878833
     -2.8982189796
     -3.5327248144
     -1.1293668142
     -2.9143859917
      0.6732142632
     -1.4508500482
     -0.1888437989
      0.2645028722
      0.0528475735
     -0.8407347286
     -0.2711233207
     -0.4400768576
     -0.7766472790
      0.2075316922
      2.5551510023
     -0.0552910494
      0.3250875398
      1.7759018596
      0.2134914608
      0.2500560103
     -0.3731526297
      0.2518419744
     -0.1162296012
     -0.3481976866
     -0.3531718081
     -0.3327954094
      0.0818201035
     -0.2733189610
      0.5998526909
     -0.2539911502
     -0.0547011297
      0.1054485152
      0.3504545021
     -0.3190714478
      0.0010261664
      0.0911122327
     -0.3307204159
     -0.3039578422
      0.4597114636
      0.0356224168
      0.2951240108
      0.3364120894
      0.1501745215
     -0.2632247808
      0.0201123836
      0.0354159970
      0.0209651597
     -0.4469495696
     -0.5464550997
     -0.9176481656
      0.1914284283
     -0.8542733214
      1.5765179104
     -0.5285698018
     -0.0877035425
     -0.2214763357
      0.0861064400
      0.2212823386
     -0.2201822292
     -0.1226309185
      0.1943675648
     -0.5534282184
      1.0735431221
      0.0467341942
      0.8055307563
      1.0205328973
      0.2876640593
     -0.2383372567
     -0.2144588310
     -0.2220376926
     -1.3357656752
     -1.5625842129
      2.2075139694
      0.6141661168
     -0.1742276847
      1.2714486919
     -0.3375441213
      1.0958246513
     -0.3939273654
     -1.2213703739
      0.4986625998
     -0.8395971971
      0.0562866544
      0.8294264841
      0.9177199516
     -0.0443783894
     -2.1201318560
     -0.1022620599
     -0.3094584426
     -0.7918341025
     -0.3978666658
      0.0691623981
     -0.5514663431
     -0.1660737933
     -0.1367707713
      2.4583023341
      3.1482705360
      4.2475766069
     -1.8901339758
      2.7161075543
      5.0945182623
      2.7900717268
     -0.0676143503
      0.3468159229
     -0.2082795991
     -1.6023051427
     -0.2601107212
     -1.1068274123
     -1.9604619337
      0.1224315972
     -2.4086478675
     -1.2853239848
      0.6082616059
     -0.3400506509
      0.5304636843
      0.1190109993
      0.3883824250
     -0.2117653886
     -0.0906370678
      0.1347241070
      1.9263773635
      0.1541251823
      0.0413652144
      1.2240829628
     -0.8924196930
      0.5710949467
     -0.1294466264
     -0.4763087212
     -0.0465690616
     -0.3835402572
     -0.2557940778
     -0.0906668659
      0.7180728587
     -0.6423065185
     -1.9677780791
     -0.5960767886
     -0.9452875906
     -1.6954291806
     -0.5153496266
     -0.2433026318
      0.5589692344
     -0.0807944126
     -0.4015592069
     -0.7083121369
     -0.3488157118
      0.0643223142
     -1.4468425414
      1.0775567050
      1.2417435210
      0.0722568440
     -0.6673188804
     -1.2266014977
      0.2784393490
      1.1378733537
      1.0833770683
     -0.8085902255
     -1.6011981881
      0.7066571628
     -0.1549309436
     -0.3268469658
     -0.5859584465
      1.0976683258
     -0.1325631243
     -0.3825531623
     -1.1584821617
     -0.1930425631
      1.2370698941
      1.4795429451
     -0.1076854517
     -0.2191011729
      0.5956366668
     -1.1504546475
      1.2222050681
     -0.9415978315
     -1.4445214484
      0.0380275489
     -0.1639233568
      0.8184628863
      0.9366993325
      0.0915359103
      0.2284269723
     -0.5111855730
     -1.8425560350
      0.5606790139
     -1.6198309622
     -1.3001980031
     -0.6364456942
      0.5469367728
     -1.7057610892
     -0.3817059131
      0.5353874644
     -0.3238443215
     -0.4176352682
      1.0707522045
     -0.2932068971
     -0.3788650959
      0.7718353615
      0.7731890148
     -0.8688468620
      0.4139628508
      0.6733107793
      0.5345400427
     -0.8387830596
     -0.8980095120
      0.9243454718
     -0.4859414356
      0.3476956560
      0.6610764466
     -0.0296821840
     -0.8376178550
      2.6619587791
     -0.4529396811
      0.1733601339
     -0.4507556572
      0.2346287702
     -0.5741897200
     -0.0014817048
     -1.0945016402
      0.6048013162
     -0.3985757091
     -0.0643793253
     -0.0115848853
     -0.9924874283
      0.5595251824
     -0.0962096597
      0.8672651937
      0.4316832901
      0.4579511103
     -0.0255519903
      0.3497079434
      0.7787536163
      0.4986625713
     -0.1261052820
      0.1465765726
     -0.1345888683
      0.2352000193
      0.8088014093
     -0.1920535932
      0.4407553800
     -0.2346147198
      0.8057777152
     -1.4404810323
      0.1466260360
      1.1323504378
     -0.2944840261
      0.2126934231
      0.3155642450
      1.0688928708
     -0.1539367196
     -0.0209365566
     -0.2999425525
     -0.1544836516
      0.2720810735
      0.3900379270
      1.6261127189
      0.0016825657
     -0.8739251196
     -1.0481091084
     -0.4324270654
     -0.9466964868
     -0.0258447542
      0.5083833987
      1.3859487078
      0.6137705116
      0.7118732713
      0.3358542648
     -0.1280610594
      0.6280594906
     -1.4050238695
     -0.0109863776
     -0.3381610847
      0.4836542974
      2.1534753534
     -1.7133648630
     -0.6676290089
     -0.4607532699
     -0.1913041526
      0.2583456077
      0.8202964386
     -0.3680377317
      0.0024970175
     -0.3514974790
      0.1796444313
      0.8234798708
     -1.2222197529
      0.6523830228
      1.2871577527
      1.3803417869
     -0.4078902074
      2.5528210216
     -1.2910345756
      1.1812122509
      0.6624171897
     -0.0465069942
      1.1621503123
      1.1268567511
      1.2041416993
     -1.1845464245
     -0.3784201430
     -0.0550450483
      0.7280522957
     -0.9025589098
     -0.5000256409
      0.5925262521
      2.1300283654
     -0.9007419174
     -0.1291391375
      0.2111955148
      0.4066321211
      0.8069279931
     -0.0695693663
     -1.2128756750
     -0.5475212118
     -0.2157492906
     -2.2522430438
      0.4245970475
      0.4980203727
     -0.4021705971
     -0.5485906031
      0.7237318855
      0.6131794627
     -0.9443969697
     -1.6467558235
     -0.3990618515
     -0.7294179855
     -0.3335345458
     -0.2323555739
      0.9485481361
      0.6487667086
     -1.3474551040
     -0.0216290132
      0.5223388446
     -0.5701994768
     -0.3022858759
     -0.1903217544
     -0.0775835488
      0.3824609010
      0.8145588540
     -0.6608513313
      0.1692108670
     -0.0134785429
      0.4799223050
      0.2387896178
     -0.1810762244
     -1.4573776574
      2.1551258041
     -0.7842975810
      0.4088916666
      0.1504483458
      0.6695294965
     -0.4423834526
      0.0548606111
     -0.8735141571
     -0.5035747120
      0.1893095130
     -0.1750665322
     -0.0344239266
      1.3208045914
     -0.6321814536
      0.3288571433
     -0.1502305579
      1.2997795240
     -0.5800400780
      0.3758819536
     -1.4384246221
      0.4149540868
     -0.6336536654
     -2.0824021528
      1.0934628279
     -0.1750156745
      0.9483883299
      1.6495131758
      0.7075490438
     -1.2498368201
     -0.2370991009
      1.9017094940
      2.5333628543
     -0.7631740944
     -0.2805881333
     -0.5923245286
     -0.3156006222
     -1.9835076757
      1.6416186032
      0.0459736313
     -0.1444630301
     -0.7936739521
      1.1738475738
      0.2287227514
      0.5060883479
     -0.4083240288
      0.2780906427
      0.9678177140
     -1.5341469591
      0.9938409742
      1.6972347274
     -0.0041691794
      0.2393426175
     -0.0684826895
      0.0286831145
     -0.0957153264
     -1.2800461839
      0.4725593268
     -0.6500196239
      0.2153642651
     -0.9823657227
     -0.3953529386
      1.3615920075
      0.7793838486
     -0.5067931274
      0.9485085140
     -1.2227386088
     -0.0042659938
      0.4862698756
      0.0811440635
      0.3090465231
     -3.2066415716
     -0.9016045009
      0.8780408389
     -2.5794327230
      0.8985540723
      0.5407762893
     -0.1627607975
      0.3490452121
     -0.0532865729
     -0.4696539164
     -1.3678134032
      0.3427572423
      0.5337916358
     -1.7171689567
      1.3290736137
      0.2103675788
      1.2017974065
     -0.1111299792
     -0.1746942337
     -0.1006854411
     -0.5504535763
      0.2633934550
     -0.8185380960
      0.6549409756
     -0.6107434234
     -0.0018283157
     -0.6262728860
     -0.2345597282
     -0.3642744744
      0.7336929298
     -0.2242869184
     -0.5410322363
     -0.3507347240
     -0.3966762296
     -0.8568618303
     -0.2824311875
     -0.0355891374
     -0.5390770241
     -1.6143474793
      2.1230233392
      0.6010923712
      0.2060062407
     -1.0019563926
      0.3900563825
      0.1674925066
      0.8683060513
     -0.3086664434
     -0.7394274956
     -0.5049778052
     -1.3175753732
     -0.8539875167
      0.2325819831
      0.2323628148
      0.5536476328
     -0.4606084736
     -0.5167885244
     -0.0124119779
      0.1912171404
     -1.7043655467
     -0.5125752929
      0.1319207590
      0.2468778151
     -0.6176753752
     -0.7068648870
     -0.4478140769
      0.2096367125
      0.3480697344
     -0.7915753111
     -0.0488096060
     -0.2575901684
     -0.2193994098
      0.1156196450
      0.7945814139
      0.2270654944
      0.3788637340
     -0.8360804576
     -0.2277849611
     -0.4738371638
     -0.3142323151
      0.6529200431
      0.0005300195
      0.2818470204
     -0.1230391300
      0.3226806143
     -0.1116879770
      0.0800380374
      1.5840723107
      0.1577957593
      0.0390524220
     -0.0850105050
      0.5134176599
      0.3835752733
     -0.7476497755
      0.6848828770
      1.2123057886
      0.0837126763
     -0.7103592554
     -0.3201908282
     -1.2326818470
     -1.0226793076
      0.4576122662
     -0.0556308050
      0.1326131966
      0.3640699633
     -1.8812750092
     -0.5162060177
     -1.1380418158
     -0.4854820838
     -0.6230849241
      0.3993584899
      0.9242301285
     -0.8240922580
      0.4758842473
     -0.0813842297
     -1.1676327904
      0.9972877649
     -0.3378805019
     -0.6591936026
      0.1952320904
      0.2200762892
      0.8312932491
      0.5627226254
     -1.0292138007
      0.7325001864
      0.9001399933
     -0.1796710473
      1.1537899185
      0.4388808467
      0.1337722059
     -0.0890181816
      0.0881832915
     -0.2270423388
     -0.1166593734
      1.5044531723
     -1.0660797060
      0.9421339009
     -1.5692245398
     -0.7768186998
     -0.7761726739
      1.3374767416
     -0.5047992682
      0.8165501061
     -1.0758427935
      1.3120345070
     -0.0955783035
     -0.9586871644
      0.1765865694
     -0.4430820491
     -0.3227368066
     -0.4824656385
      0.0913122390
      1.3678115958
      0.4799160115
      0.6242618661
     -0.4907868736
     -0.6632776594
      0.0004027027
      0.1428835184
      0.8794126287
     -0.0564921740
     -0.5176401812
     -0.1111487384
      0.6085732576
      1.4288768656
      0.2755209394
      0.7677713200
      0.4474257135
     -0.3291282175
     -1.7858120426
      0.9748480854
     -1.2948275571
      0.7809710460
      0.6297650415
      0.1994144431
      0.2405912334
     -0.9028301810
      0.3328102228
      1.3416164334
      0.2764856221
      1.4612601522
      0.4331636592
      0.1640418305
     -0.4915909441
     -0.1556299653
     -0.9767094914
      1.0915677370
     -0.4889750555
     -2.1018992282
     -0.2019352226
     -0.0561561548
      0.2220668769
      0.4839938443
      0.0823826987
     -0.5265840047
     -0.3354325964
     -0.9178195593
     -1.7718121605
     -1.3899016156
      0.5280493059
      0.8207539828
     -0.0477705443
     -0.6224526885
     -0.2170528917
      0.2212091948
     -0.8708952595
     -0.2712678497
     -0.7402076817
     -0.2429057448
      0.0831754309
     -0.5688917663
      0.2008313423
     -1.2487148028
     -0.4120769840
     -0.5428845948
     -0.2847046572
     -0.3885702068
      0.8283552404
      0.1219042042
      2.0487083285
     -0.1906818290
     -1.7110437467
      0.6789540292
      1.1050626361
      1.6666011068
     -1.0859661999
      0.7978023902
     -0.9582956767
     -0.4873874111
      0.1580869920
     -1.0904201465
      0.0111389230
     -0.0870375421
      0.2403797947
      0.0646280783
     -1.3652739531
     -1.1137301002
     -1.3949642182
     -0.1380527246
     -0.2008192018
     -0.5809185211
      0.9475141944
      0.0319133405
     -0.2011447909
     -0.6167134271
     -0.6693882270
     -0.3200753594
      0.8794240138
      0.1402260736
     -1.1446393835
     -0.7074283677
      0.1880071474
      1.3769609333
     -0.6578259109
     -0.3347310998
      0.0303254635
      0.5746776850
     -0.2538810616
     -0.3223284573
     -0.9261409210
      1.0032215322
      0.4092210965
      0.0339968716
     -0.5023687685
      1.7157306802
     -0.0416387236
     -0.3111163079
      1.1533362911
      1.5920830587
     -0.7909357124
     -0.2053513886
      1.0257178825
     -0.4487452354
      0.2078057370
     -0.2620864836
     -0.5980886294
      0.2159002909
      0.4512850090
      0.5216426938
     -0.4019055389
      0.4969888820
     -0.8085159831
      0.2635019813
     -1.1842881336
      0.7035471231
     -0.2743642686
      1.2140101389
     -0.9391671680
      0.7576243006
      1.3353358693
     -0.4768929698
      0.1583198902
     -1.6026055226
     -2.0709528874
     -0.1841651755
      0.9184696124
      0.6174596763
     -1.6046638011
     -2.2494467219
      1.3311004782
      0.6438465160
     -0.3156863746
      1.2398797280
      0.7031733070
      0.1547618074
     -1.7816708784
      0.5145255594
      0.4156737094
      0.1338314724
     -0.3123354363
     -0.0322034088
     -0.1955817621
     -0.5520937286
     -0.2102879824
      0.1622462505
      0.4576722029
     -0.5666652876
      0.1879490344
      0.2434577099
      0.3145348663
      0.2190174860
     -0.0986046378
     -0.8427391208
      1.1377301990
      0.9875755371
      0.8231449004
     -0.8122276533
     -0.1955565794
      0.3136267502
      0.7264311363
     -1.1407031090
      0.3312572475
      0.6995068875
     -1.0688596893
     -1.1844659376
     -1.0376498896
     -1.1584075200
     -0.5607219499
     -0.5288184810
      1.1231663294
     -0.2910051452
      0.8945090772
      0.6085153524
      0.3671241320
      1.1425960938
      0.0719426015
     -0.2020730466
     -0.7092746218
     -0.4531027961
      0.4410964265
      0.0544221865
      0.0655910032
      0.1570002977
      0.4232610922
     -0.4261558341
     -0.0983775836
      0.0746350293
     -0.0490138731
     -0.1919440500
      0.1520647950
      0.0356055506
     -0.0958013380
      0.1900054298
      0.0717765016
     -0.3731447462
      0.2357859910
     -0.1939253205
     -0.2927803803
     -0.1583508711
      0.1636853879
      0.0295282628
     -0.0757479869
     -0.0421240792
     -0.1254196490
