################################################################################
# Neural network connection values (weights and biases).
################################################################################
# Col  Name       Description
################################################################################
# 1    connection Neural network connection value.
# 2    t          Connection type (a = weight, b = bias).
# 3    index      Index enumerating weights.
# 4    l_s        Starting point layer (end point layer for biases).
# 5    n_s        Starting point neuron in starting layer (end point neuron for biases).
# 6    l_e        End point layer.
# 7    n_e        End point neuron in end layer.
################################################################################
#                      1 2         3     4     5     6     7
#             connection t     index   l_s   n_s   l_e   n_e
############################################################
  1.2003810508272487E+01 a         1     0     1     1     1
 -1.0945748368532508E+01 a         2     0     1     1     2
 -4.9689845569968529E+00 a         3     0     1     1     3
  1.7327813625353010E+00 a         4     0     1     1     4
 -6.4553997500055988E+00 a         5     0     1     1     5
 -5.5851468035421075E+00 a         6     0     1     1     6
 -6.1802431057134335E+00 a         7     0     1     1     7
  2.0857607757515204E+01 a         8     0     1     1     8
  2.4350088228837009E+01 a         9     0     1     1     9
  2.1139429324694110E+01 a        10     0     1     1    10
 -8.8897850098509039E+00 a        11     0     1     1    11
 -2.8794214343861707E+01 a        12     0     1     1    12
 -1.2269091341341889E+00 a        13     0     1     1    13
  1.6318060086964092E+01 a        14     0     1     1    14
  1.7541546060192648E+01 a        15     0     1     1    15
  6.4569181206210411E+00 a        16     0     1     1    16
 -9.2553580464256786E+00 a        17     0     2     1     1
 -8.8677643685498264E-01 a        18     0     2     1     2
 -1.4093304500533520E+01 a        19     0     2     1     3
  4.2380297857890428E+00 a        20     0     2     1     4
 -3.9845950730395727E+00 a        21     0     2     1     5
  1.4479987920722831E+01 a        22     0     2     1     6
 -8.8657544175624334E+00 a        23     0     2     1     7
 -5.1553991930610388E-01 a        24     0     2     1     8
  1.4048039386106680E+01 a        25     0     2     1     9
 -3.5370779035542488E+00 a        26     0     2     1    10
  1.4648325008151566E+01 a        27     0     2     1    11
  1.4650383952472175E+00 a        28     0     2     1    12
  2.2825430322398397E+00 a        29     0     2     1    13
 -4.3023663234270471E+00 a        30     0     2     1    14
  1.0120969116064598E+01 a        31     0     2     1    15
 -5.6964100712648813E+00 a        32     0     2     1    16
 -9.4028814413293871E-01 a        33     0     3     1     1
  9.3960665667868017E+00 a        34     0     3     1     2
 -9.2056997610593994E-01 a        35     0     3     1     3
  2.8716869029637033E+00 a        36     0     3     1     4
 -4.9412749774258273E+00 a        37     0     3     1     5
  3.9954446802539580E+00 a        38     0     3     1     6
 -7.0410374096585109E+00 a        39     0     3     1     7
 -1.2110035811985147E+01 a        40     0     3     1     8
  4.6812159934884905E+00 a        41     0     3     1     9
 -6.7160804128914755E+00 a        42     0     3     1    10
  1.6413745267424154E+00 a        43     0     3     1    11
 -1.1784051040725656E+00 a        44     0     3     1    12
 -1.1335855816631238E+01 a        45     0     3     1    13
 -4.9910830982424406E+00 a        46     0     3     1    14
 -2.0208749043823571E-02 a        47     0     3     1    15
 -6.5705597069557822E+00 a        48     0     3     1    16
 -1.5729341689733271E+01 a        49     0     4     1     1
  5.3369253824657372E+00 a        50     0     4     1     2
  3.6445646668725944E+00 a        51     0     4     1     3
 -1.2257691577335798E-01 a        52     0     4     1     4
  6.7232091124109914E+00 a        53     0     4     1     5
  8.9314922866202142E+00 a        54     0     4     1     6
  3.5757971089980805E+00 a        55     0     4     1     7
 -1.7621941437139679E+01 a        56     0     4     1     8
 -1.9751050171212842E+01 a        57     0     4     1     9
 -2.5204791640126437E+01 a        58     0     4     1    10
  1.7294927564241249E+01 a        59     0     4     1    11
  2.9063424470279855E+01 a        60     0     4     1    12
 -5.2336040557954744E-01 a        61     0     4     1    13
 -1.2325600247123759E+01 a        62     0     4     1    14
 -8.7362653609394698E+00 a        63     0     4     1    15
 -8.4887009190907605E+00 a        64     0     4     1    16
  7.8514552973340637E+00 a        65     0     5     1     1
 -3.3652816187573036E+00 a        66     0     5     1     2
  1.4117911092452163E+01 a        67     0     5     1     3
 -5.4894379134095637E+00 a        68     0     5     1     4
  5.5534801805956882E+00 a        69     0     5     1     5
 -1.7142032957930365E+01 a        70     0     5     1     6
  1.0635626965481721E+01 a        71     0     5     1     7
  8.5355859553118663E-01 a        72     0     5     1     8
 -1.4663758400000955E+01 a        73     0     5     1     9
 -5.6640612208531707E+00 a        74     0     5     1    10
 -1.2972341483665041E+01 a        75     0     5     1    11
  2.9459717758187067E+00 a        76     0     5     1    12
 -6.6501233548328837E+00 a        77     0     5     1    13
  9.7968178591865407E-02 a        78     0     5     1    14
 -1.2869987242960216E+01 a        79     0     5     1    15
  5.5775589417837770E+00 a        80     0     5     1    16
  4.3422120343703074E+00 a        81     0     6     1     1
  1.0687407848451171E+00 a        82     0     6     1     2
 -5.4234583382943358E-01 a        83     0     6     1     3
 -5.6325917612882781E-01 a        84     0     6     1     4
 -5.4364431454704354E-01 a        85     0     6     1     5
 -2.7744368157386092E+00 a        86     0     6     1     6
  6.1517879390618402E-01 a        87     0     6     1     7
  3.8301873414532150E+00 a        88     0     6     1     8
  2.5540607647778297E+00 a        89     0     6     1     9
  4.6386693710691604E+00 a        90     0     6     1    10
 -8.4692177689793429E+00 a        91     0     6     1    11
 -4.7310660292894449E+00 a        92     0     6     1    12
  1.6371216623304830E+00 a        93     0     6     1    13
  1.0807761417394885E+00 a        94     0     6     1    14
 -3.2202998543461742E-01 a        95     0     6     1    15
  2.0962511227694565E+00 a        96     0     6     1    16
  3.7633940350264961E-01 a        97     0     7     1     1
 -2.4020182343530432E+00 a        98     0     7     1     2
  3.2903453201188503E-02 a        99     0     7     1     3
 -2.5683309708197477E+00 a       100     0     7     1     4
  3.2069972016664070E+00 a       101     0     7     1     5
 -4.1696731249059811E+00 a       102     0     7     1     6
  3.7890379438281752E+00 a       103     0     7     1     7
  7.3481380123860944E+00 a       104     0     7     1     8
 -2.4361215513201331E+00 a       105     0     7     1     9
  1.7302839785968949E-01 a       106     0     7     1    10
 -5.4608240930464422E+00 a       107     0     7     1    11
  2.1829303584179763E-01 a       108     0     7     1    12
  4.6404871513858286E+00 a       109     0     7     1    13
  6.2871043892476763E-01 a       110     0     7     1    14
  6.1846193093956547E-01 a       111     0     7     1    15
  5.2162439780902030E+00 a       112     0     7     1    16
 -3.4542298760806798E+00 a       113     0     8     1     1
  2.2184370243568736E+00 a       114     0     8     1     2
 -1.0709923696060185E+01 a       115     0     8     1     3
  7.3305903619509116E-01 a       116     0     8     1     4
 -2.2462124282798577E+00 a       117     0     8     1     5
  1.2622936404128220E+01 a       118     0     8     1     6
 -5.9312753924050909E+00 a       119     0     8     1     7
  1.4958994621923241E+00 a       120     0     8     1     8
  9.7509535657905797E+00 a       121     0     8     1     9
 -1.0190173235524751E+00 a       122     0     8     1    10
  4.9727718199396671E+00 a       123     0     8     1    11
 -2.3136767319012876E+00 a       124     0     8     1    12
  7.3229612202997147E+00 a       125     0     8     1    13
 -1.6719235626971152E+00 a       126     0     8     1    14
  9.5184315963145369E+00 a       127     0     8     1    15
  1.8211475781803446E+00 a       128     0     8     1    16
 -1.2593475392559046E+01 a       129     0     9     1     1
  2.5059909092874836E+01 a       130     0     9     1     2
  2.9559509266967603E+00 a       131     0     9     1     3
 -1.8917655787769348E+01 a       132     0     9     1     4
  2.2193390620936626E+01 a       133     0     9     1     5
 -3.1748887885723505E+01 a       134     0     9     1     6
  3.2444534916947752E+01 a       135     0     9     1     7
 -3.5092947024226341E+01 a       136     0     9     1     8
 -3.3836585562495728E+01 a       137     0     9     1     9
  3.2802296900520950E+01 a       138     0     9     1    10
  1.8769347182374474E+01 a       139     0     9     1    11
 -8.2653172032981388E+00 a       140     0     9     1    12
 -1.6608591897962910E+01 a       141     0     9     1    13
  1.0218658821140535E+01 a       142     0     9     1    14
 -1.0590312604128306E+01 a       143     0     9     1    15
  2.2218476075254220E+01 a       144     0     9     1    16
  3.0315244540998894E+00 a       145     0    10     1     1
  4.1411013009367970E+01 a       146     0    10     1     2
  1.0042872909215074E+01 a       147     0    10     1     3
 -7.6068685211951870E+00 a       148     0    10     1     4
  1.7251760982646733E+00 a       149     0    10     1     5
 -3.8336900493499293E+01 a       150     0    10     1     6
  2.1262845580217160E+01 a       151     0    10     1     7
 -3.1372990458746376E+01 a       152     0    10     1     8
 -3.8038325349081042E+01 a       153     0    10     1     9
  1.8827642269926859E+01 a       154     0    10     1    10
 -4.3875631185973960E+00 a       155     0    10     1    11
 -2.0170059594647096E+01 a       156     0    10     1    12
 -1.2220971727982736E+01 a       157     0    10     1    13
  4.2219141648324872E+01 a       158     0    10     1    14
  1.1757945049032275E+01 a       159     0    10     1    15
 -2.4252551333591914E+01 a       160     0    10     1    16
  1.2148602876240300E+01 a       161     0    11     1     1
  7.0143661073726520E+00 a       162     0    11     1     2
 -9.2839625705555715E+00 a       163     0    11     1     3
  3.0695914883551236E+01 a       164     0    11     1     4
  3.2287574995264468E+00 a       165     0    11     1     5
  1.6739139664153171E+01 a       166     0    11     1     6
  3.8910504198475921E+00 a       167     0    11     1     7
 -1.0500426192793507E+01 a       168     0    11     1     8
  1.9841623553977328E+01 a       169     0    11     1     9
  1.6673960222260543E+01 a       170     0    11     1    10
 -2.9207780975006448E+00 a       171     0    11     1    11
  4.5571364034324624E+00 a       172     0    11     1    12
  3.7123102664916068E+01 a       173     0    11     1    13
  1.9108045034892200E+01 a       174     0    11     1    14
  9.8275640191774194E+00 a       175     0    11     1    15
 -3.6474529241895894E+01 a       176     0    11     1    16
  1.5575618309063708E+00 a       177     0    12     1     1
 -2.5198570529414592E+01 a       178     0    12     1     2
 -6.8436589432400808E+01 a       179     0    12     1     3
 -2.2229499175676771E+01 a       180     0    12     1     4
 -2.4713174240697885E+01 a       181     0    12     1     5
 -2.2501873679238901E+01 a       182     0    12     1     6
 -4.3649625765609287E+01 a       183     0    12     1     7
  3.8769314807883454E+01 a       184     0    12     1     8
  2.8538932602803364E+01 a       185     0    12     1     9
 -8.9571625437091214E+01 a       186     0    12     1    10
 -2.1697229913005199E+01 a       187     0    12     1    11
  1.4613383555004578E+01 a       188     0    12     1    12
 -4.6222515246912437E+00 a       189     0    12     1    13
 -7.6413931767022191E+01 a       190     0    12     1    14
  4.5407535287830552E+00 a       191     0    12     1    15
 -4.9655358534903371E+01 a       192     0    12     1    16
  2.2456495546741028E+01 a       193     0    13     1     1
 -6.4668955462515399E+01 a       194     0    13     1     2
 -7.1990833551863149E+00 a       195     0    13     1     3
 -1.0002338425614894E+00 a       196     0    13     1     4
 -1.8588583952241027E+01 a       197     0    13     1     5
  1.4474125316189765E+00 a       198     0    13     1     6
 -3.1085615118420766E+00 a       199     0    13     1     7
 -2.1666707087237356E+01 a       200     0    13     1     8
 -1.2590773808513310E+01 a       201     0    13     1     9
 -3.3155038391704035E+00 a       202     0    13     1    10
 -5.7695436027174729E+00 a       203     0    13     1    11
 -1.8258583049044212E+01 a       204     0    13     1    12
  4.7379664552340230E+01 a       205     0    13     1    13
  2.2999285194481081E+00 a       206     0    13     1    14
 -1.8989203682072944E+01 a       207     0    13     1    15
  1.3645891316283841E+01 a       208     0    13     1    16
 -1.0069428597592896E+01 a       209     0    14     1     1
  1.5358326748581690E+00 a       210     0    14     1     2
 -9.5382667701410853E+00 a       211     0    14     1     3
  4.9532949108175179E+00 a       212     0    14     1     4
  6.0107657159080319E-01 a       213     0    14     1     5
  1.8641357754472370E+01 a       214     0    14     1     6
  3.3290421454811125E-01 a       215     0    14     1     7
 -1.3072709517485066E+01 a       216     0    14     1     8
  5.6714460644579319E+00 a       217     0    14     1     9
  3.9988257561225873E+00 a       218     0    14     1    10
  2.7264154772849203E+01 a       219     0    14     1    11
 -2.5990289097708286E+00 a       220     0    14     1    12
 -2.0783471380687160E+00 a       221     0    14     1    13
  9.5579986734433220E+00 a       222     0    14     1    14
  1.6911456726823388E+01 a       223     0    14     1    15
 -1.0209795005502340E+01 a       224     0    14     1    16
 -1.5286190745749469E+01 a       225     0    15     1     1
 -7.0877007758064465E+01 a       226     0    15     1     2
 -1.4993898736731333E+01 a       227     0    15     1     3
 -2.9401491049670749E+01 a       228     0    15     1     4
 -1.5673788919790262E+01 a       229     0    15     1     5
 -4.5276829273021093E+01 a       230     0    15     1     6
 -4.1384459240604361E+00 a       231     0    15     1     7
  1.6160702797903760E+01 a       232     0    15     1     8
 -2.7803688311140853E+01 a       233     0    15     1     9
 -1.0575727779480538E+01 a       234     0    15     1    10
  1.5079739242443457E+01 a       235     0    15     1    11
 -4.1961318290216255E+01 a       236     0    15     1    12
  2.0618203390032566E+01 a       237     0    15     1    13
 -1.3477173385863045E+01 a       238     0    15     1    14
 -1.2463414234729159E+01 a       239     0    15     1    15
  1.7037688614588571E+01 a       240     0    15     1    16
  8.0728964002620884E-01 a       241     0    16     1     1
 -1.4515250474374440E+01 a       242     0    16     1     2
 -4.4821669887021631E+00 a       243     0    16     1     3
  4.2789300979049338E-01 a       244     0    16     1     4
  8.5443915010823523E-01 a       245     0    16     1     5
  5.9522423054915574E-01 a       246     0    16     1     6
  7.6333531535489341E-01 a       247     0    16     1     7
  2.0160700984418606E-01 a       248     0    16     1     8
  2.2871616438439633E+00 a       249     0    16     1     9
 -1.6127845148601943E+00 a       250     0    16     1    10
  4.2325627238566614E+00 a       251     0    16     1    11
 -5.7460242833686559E+00 a       252     0    16     1    12
  3.3918433765295939E+00 a       253     0    16     1    13
  1.8532538040406441E+00 a       254     0    16     1    14
  5.5999618506958884E+00 a       255     0    16     1    15
  5.7481994163103138E+00 a       256     0    16     1    16
 -6.7228865063846044E+00 a       257     0    17     1     1
  2.6878628550967223E+00 a       258     0    17     1     2
 -7.1469253295143904E+00 a       259     0    17     1     3
  3.6236797106739771E+00 a       260     0    17     1     4
 -3.1865136995434749E+00 a       261     0    17     1     5
  9.7397625208182337E+00 a       262     0    17     1     6
 -2.6747712670262591E+00 a       263     0    17     1     7
 -6.2933083897484083E+00 a       264     0    17     1     8
  6.6688233501878740E+00 a       265     0    17     1     9
  2.9436685931771942E+00 a       266     0    17     1    10
  1.3951830707735366E+01 a       267     0    17     1    11
 -3.4627637287633921E+00 a       268     0    17     1    12
  1.4148327968301688E+00 a       269     0    17     1    13
 -2.9017253235231792E+00 a       270     0    17     1    14
  9.6599932520538374E+00 a       271     0    17     1    15
 -6.2135771839334430E-01 a       272     0    17     1    16
 -9.8090997741029851E-01 a       273     0    18     1     1
 -8.0395994904991657E+00 a       274     0    18     1     2
 -2.0800077521832114E+00 a       275     0    18     1     3
 -1.4808803619483675E+00 a       276     0    18     1     4
 -9.9215801112206936E+00 a       277     0    18     1     5
 -6.6599751822134152E+00 a       278     0    18     1     6
 -6.0335376953166717E+00 a       279     0    18     1     7
 -6.7965846316168639E+00 a       280     0    18     1     8
 -3.2365333831375453E+00 a       281     0    18     1     9
  4.4608429633455557E+00 a       282     0    18     1    10
 -8.8945149806028532E+00 a       283     0    18     1    11
 -2.7101175582400656E+00 a       284     0    18     1    12
  5.4815038522307882E+00 a       285     0    18     1    13
 -2.7944185284015712E+00 a       286     0    18     1    14
 -4.9652844381940007E+00 a       287     0    18     1    15
 -6.0393452379676282E-01 a       288     0    18     1    16
  2.7443906054714457E+01 a       289     0    19     1     1
 -2.5634155275273752E+01 a       290     0    19     1     2
 -6.3057177584915136E+00 a       291     0    19     1     3
  4.2414694142499464E+01 a       292     0    19     1     4
 -6.8202160182290896E+01 a       293     0    19     1     5
  6.4802258597614355E+01 a       294     0    19     1     6
 -7.7377074621826353E+01 a       295     0    19     1     7
  4.3204820268357942E+01 a       296     0    19     1     8
  5.1086104124391007E+01 a       297     0    19     1     9
 -8.1165722770619482E+01 a       298     0    19     1    10
 -3.8962357148413048E+01 a       299     0    19     1    11
  4.7638203505510909E+01 a       300     0    19     1    12
  4.7470836044623269E+01 a       301     0    19     1    13
 -5.9739727955340818E+01 a       302     0    19     1    14
 -1.4941669864654200E+01 a       303     0    19     1    15
 -5.0670236660947040E+01 a       304     0    19     1    16
  2.8869770508034280E+00 a       305     0    20     1     1
 -8.4325193266999904E+01 a       306     0    20     1     2
  7.6200733564531005E+00 a       307     0    20     1     3
  1.0894322876672941E+01 a       308     0    20     1     4
 -1.0831810718058405E+01 a       309     0    20     1     5
  3.4626525933287432E+01 a       310     0    20     1     6
 -4.4823003132430017E+01 a       311     0    20     1     7
  6.2447706052584195E+01 a       312     0    20     1     8
  5.4167016672864882E+01 a       313     0    20     1     9
 -1.8503872458613767E+01 a       314     0    20     1    10
 -3.0953505377556318E+01 a       315     0    20     1    11
  5.4499895207632783E+01 a       316     0    20     1    12
  3.0555570990150493E+01 a       317     0    20     1    13
 -8.7975768172198769E+01 a       318     0    20     1    14
 -5.9728817406241809E+01 a       319     0    20     1    15
  7.1733524003016484E+01 a       320     0    20     1    16
 -3.9407521872237645E+01 a       321     0    21     1     1
 -4.0358731736613059E+01 a       322     0    21     1     2
  1.8192755764182237E+01 a       323     0    21     1     3
 -8.8143663974509067E+01 a       324     0    21     1     4
 -6.0885642875004420E-01 a       325     0    21     1     5
 -6.6020786468508845E+01 a       326     0    21     1     6
  3.6587923265536126E+00 a       327     0    21     1     7
  4.4751931233340244E+01 a       328     0    21     1     8
 -6.2280946301944191E+01 a       329     0    21     1     9
 -2.7000801559459578E+01 a       330     0    21     1    10
  5.9940082233247416E-01 a       331     0    21     1    11
 -1.1296981270720092E+01 a       332     0    21     1    12
 -5.3553783577574464E+01 a       333     0    21     1    13
 -4.4328269516442759E+01 a       334     0    21     1    14
 -2.2222597950174350E+01 a       335     0    21     1    15
  1.0717617964986947E+02 a       336     0    21     1    16
 -1.8516823665470252E+01 a       337     0    22     1     1
  4.9406306918532145E+01 a       338     0    22     1     2
  8.4400968553756144E+00 a       339     0    22     1     3
 -1.7847600698747701E+01 a       340     0    22     1     4
  3.3885930749113555E+01 a       341     0    22     1     5
 -2.3927420264466296E+01 a       342     0    22     1     6
  3.3811770607748720E+01 a       343     0    22     1     7
 -5.0517008691977674E+00 a       344     0    22     1     8
 -1.5994923215268887E+01 a       345     0    22     1     9
  3.1916221253317051E+01 a       346     0    22     1    10
  1.2852884268353472E+01 a       347     0    22     1    11
 -1.0463588689200318E+01 a       348     0    22     1    12
 -3.7016040306701555E+01 a       349     0    22     1    13
  2.1017910604074952E+01 a       350     0    22     1    14
  4.4296270625491472E+00 a       351     0    22     1    15
  1.1178339620743840E+01 a       352     0    22     1    16
  1.0522435421896789E+01 a       353     0    23     1     1
  6.2495543474307254E+01 a       354     0    23     1     2
  8.0433904280643489E+01 a       355     0    23     1     3
  1.4574164821384080E+01 a       356     0    23     1     4
  3.3443495766649477E+01 a       357     0    23     1     5
 -4.8124173600962505E+00 a       358     0    23     1     6
  7.0394140594680721E+01 a       359     0    23     1     7
 -5.3699000922276021E+01 a       360     0    23     1     8
 -5.9649158062162982E+01 a       361     0    23     1     9
  9.8381593956907068E+01 a       362     0    23     1    10
  9.0369924608231393E+00 a       363     0    23     1    11
 -3.8992638642945259E+01 a       364     0    23     1    12
 -9.8150713076033913E+00 a       365     0    23     1    13
  1.1933794294303127E+02 a       366     0    23     1    14
  1.6993894423635720E+00 a       367     0    23     1    15
  3.2356770359191636E+01 a       368     0    23     1    16
  2.6583087021063317E+01 a       369     0    24     1     1
  4.6196952915427808E+01 a       370     0    24     1     2
  2.1817486399347934E+00 a       371     0    24     1     3
  4.4409229004810037E+01 a       372     0    24     1     4
  1.8992973393804807E+01 a       373     0    24     1     5
  4.5536258621347791E+01 a       374     0    24     1     6
  9.6438999006107551E+00 a       375     0    24     1     7
 -9.8599864725689716E+00 a       376     0    24     1     8
  3.4399132782285896E+01 a       377     0    24     1     9
  3.3956764954884990E+00 a       378     0    24     1    10
 -7.5266290895154304E+00 a       379     0    24     1    11
  1.8066446737715886E+01 a       380     0    24     1    12
  1.1181991434183793E+01 a       381     0    24     1    13
  2.7107556629255246E+01 a       382     0    24     1    14
  1.6495138086742248E+01 a       383     0    24     1    15
 -4.4222532867479167E+01 a       384     0    24     1    16
 -2.3663872424449583E+00 a       385     0    25     1     1
 -5.4968717858771132E+00 a       386     0    25     1     2
 -2.4179962468459268E+00 a       387     0    25     1     3
 -2.6943609138798310E+00 a       388     0    25     1     4
  7.0186924512639211E+00 a       389     0    25     1     5
 -4.1274146188007172E+00 a       390     0    25     1     6
  6.9294375511517377E+00 a       391     0    25     1     7
 -3.3769663733408506E-01 a       392     0    25     1     8
 -1.0028009547080705E+00 a       393     0    25     1     9
  9.1223787267443193E+00 a       394     0    25     1    10
  8.4507217131100667E+00 a       395     0    25     1    11
 -8.5927669774230289E+00 a       396     0    25     1    12
 -2.5117978269912116E+00 a       397     0    25     1    13
  6.8689840273336022E+00 a       398     0    25     1    14
  5.4412078657244569E+00 a       399     0    25     1    15
  1.0441348439259416E+01 a       400     0    25     1    16
 -2.5341661826039052E+00 a       401     0    26     1     1
  9.6763312016726732E-01 a       402     0    26     1     2
 -5.0441663544548039E+00 a       403     0    26     1     3
  1.4122514764901362E+00 a       404     0    26     1     4
 -2.2910597267985420E+00 a       405     0    26     1     5
  1.6775730993667228E+00 a       406     0    26     1     6
  5.7585792330963903E-01 a       407     0    26     1     7
 -5.4445916263877852E+00 a       408     0    26     1     8
 -7.8641287707551455E-01 a       409     0    26     1     9
  4.2412902980852687E+00 a       410     0    26     1    10
  1.0683719016502945E+01 a       411     0    26     1    11
 -1.1698845529932763E+01 a       412     0    26     1    12
  1.3975801558152496E+00 a       413     0    26     1    13
  5.4112444701877758E+00 a       414     0    26     1    14
  9.1966982124020866E+00 a       415     0    26     1    15
 -2.6194506997771749E+00 a       416     0    26     1    16
  1.0147433320397214E+01 a       417     0    27     1     1
 -6.9951953338461221E+00 a       418     0    27     1     2
 -5.5039726545470247E-01 a       419     0    27     1     3
  5.9593752703002121E+00 a       420     0    27     1     4
 -2.6048094232707961E+00 a       421     0    27     1     5
  4.0257509098389397E+00 a       422     0    27     1     6
 -1.2131327684241473E+00 a       423     0    27     1     7
 -4.8292079266695760E+00 a       424     0    27     1     8
  2.0220584801942887E+00 a       425     0    27     1     9
  5.0922296033966834E+00 a       426     0    27     1    10
 -9.5411547290870917E+00 a       427     0    27     1    11
  9.2900103173764681E-02 a       428     0    27     1    12
  9.1161734932001366E+00 a       429     0    27     1    13
  8.2380715901433810E+00 a       430     0    27     1    14
 -2.4400138274761622E+00 a       431     0    27     1    15
 -5.6199439807226197E+00 a       432     0    27     1    16
  8.2299285263604294E-01 a       433     0    28     1     1
  3.4190918109128376E+00 a       434     0    28     1     2
  4.7548780871684393E+00 a       435     0    28     1     3
 -2.8667563516856913E+00 a       436     0    28     1     4
  3.0367741109688129E-01 a       437     0    28     1     5
 -5.7160861913105903E+00 a       438     0    28     1     6
  2.2791929501906467E+00 a       439     0    28     1     7
 -9.0853153362803383E+00 a       440     0    28     1     8
 -9.4883481128348546E+00 a       441     0    28     1     9
  4.0283326083619553E+00 a       442     0    28     1    10
 -5.2617478675616827E+00 a       443     0    28     1    11
  2.8821263145989229E+00 a       444     0    28     1    12
  4.1026474974109939E-01 a       445     0    28     1    13
  2.1951687025712503E+00 a       446     0    28     1    14
 -6.3840060384955821E+00 a       447     0    28     1    15
 -3.9109764660071304E+00 a       448     0    28     1    16
  2.1449439786545801E+00 a       449     0    29     1     1
  1.9388768845015889E+00 a       450     0    29     1     2
 -4.5711426525192547E+00 a       451     0    29     1     3
 -7.0453807748562358E+00 a       452     0    29     1     4
  2.0750817414709783E+00 a       453     0    29     1     5
 -1.1420945958931309E+01 a       454     0    29     1     6
 -1.4190248908738090E+00 a       455     0    29     1     7
  2.2100873392838203E+00 a       456     0    29     1     8
 -5.3590927642939485E+00 a       457     0    29     1     9
 -1.4498365404928613E+01 a       458     0    29     1    10
 -7.7320739433341963E+00 a       459     0    29     1    11
  1.0093533445316421E+01 a       460     0    29     1    12
 -5.3733921974395065E+00 a       461     0    29     1    13
 -2.9852789929356454E+00 a       462     0    29     1    14
  5.4009591785025390E-01 a       463     0    29     1    15
 -1.7456677018091447E+01 a       464     0    29     1    16
 -7.5217918936648740E+00 a       465     0    30     1     1
  7.0503236829346312E+00 a       466     0    30     1     2
 -2.6464500961348620E+00 a       467     0    30     1     3
  3.2782916105482056E+00 a       468     0    30     1     4
  4.1203373794050009E+00 a       469     0    30     1     5
  2.9874391191833505E+00 a       470     0    30     1     6
  1.2021546465196378E+00 a       471     0    30     1     7
  1.3897728630025705E+00 a       472     0    30     1     8
  5.6947963055483610E+00 a       473     0    30     1     9
  8.6689292946669705E-01 a       474     0    30     1    10
  1.9557330375317601E+01 a       475     0    30     1    11
 -2.9391286693092461E-02 a       476     0    30     1    12
 -8.8172172823369399E-01 a       477     0    30     1    13
 -2.0216061920829578E+00 a       478     0    30     1    14
  7.7514297513993498E+00 a       479     0    30     1    15
 -7.6347677392909663E+00 a       480     0    30     1    16
 -1.9237243501029766E+01 a       481     0    31     1     1
  3.4704604925651893E+01 a       482     0    31     1     2
  3.9438684149167709E+00 a       483     0    31     1     3
  1.1237100113840412E-01 a       484     0    31     1     4
  1.9584898214820861E+01 a       485     0    31     1     5
 -4.9927194878169878E+00 a       486     0    31     1     6
  3.6740737935619059E+00 a       487     0    31     1     7
  1.7590433767388081E+01 a       488     0    31     1     8
  1.1725910187078004E+01 a       489     0    31     1     9
  1.0798070971538598E+01 a       490     0    31     1    10
  8.6449896268293749E+00 a       491     0    31     1    11
  5.7601109116585816E+00 a       492     0    31     1    12
 -4.1583811704166521E+01 a       493     0    31     1    13
  1.1827259438262615E+01 a       494     0    31     1    14
  2.6196360414783857E+01 a       495     0    31     1    15
 -7.3376647446129901E+00 a       496     0    31     1    16
  1.1370555576744357E+01 a       497     0    32     1     1
  5.9500224342015642E+01 a       498     0    32     1     2
  6.5153522388749634E+00 a       499     0    32     1     3
  3.2351451388046954E+01 a       500     0    32     1     4
  8.6520510494985325E-01 a       501     0    32     1     5
  4.4088159504664262E+01 a       502     0    32     1     6
 -7.4052146830141954E+00 a       503     0    32     1     7
 -2.9559279199712154E+01 a       504     0    32     1     8
  3.2291699591765244E+01 a       505     0    32     1     9
  1.4054651316981486E+01 a       506     0    32     1    10
 -3.5246181284464320E+00 a       507     0    32     1    11
  3.5412108275837660E+01 a       508     0    32     1    12
 -2.1408460479564273E+01 a       509     0    32     1    13
  8.4007093072134307E+00 a       510     0    32     1    14
  1.2468200822255318E+01 a       511     0    32     1    15
 -2.5395213982734170E+01 a       512     0    32     1    16
 -1.6970501197410981E+00 a       513     0    33     1     1
 -5.5619570898783923E+00 a       514     0    33     1     2
  1.3947442290565643E+01 a       515     0    33     1     3
 -2.5081151747922390E+00 a       516     0    33     1     4
  7.8194916403575823E+00 a       517     0    33     1     5
 -1.1344044745660021E+01 a       518     0    33     1     6
 -1.6817456448801088E-01 a       519     0    33     1     7
  7.3116300056709118E+00 a       520     0    33     1     8
 -6.4168326307677086E+00 a       521     0    33     1     9
 -1.5603424505982573E+00 a       522     0    33     1    10
 -3.9867994459964984E+00 a       523     0    33     1    11
 -1.0426942390443452E+01 a       524     0    33     1    12
 -1.1861035266658163E+01 a       525     0    33     1    13
  1.2600836918387299E+00 a       526     0    33     1    14
  3.1455964844945261E+00 a       527     0    33     1    15
  4.2880440597234709E-01 a       528     0    33     1    16
 -4.8262574734492958E-01 a       529     0    34     1     1
 -1.2176273708114622E+00 a       530     0    34     1     2
  6.1217807582302636E-02 a       531     0    34     1     3
 -8.0276742534909004E-02 a       532     0    34     1     4
  1.0169216085618300E+00 a       533     0    34     1     5
  2.8238018482625316E-01 a       534     0    34     1     6
  4.9274020281388664E-01 a       535     0    34     1     7
  8.6091680309540286E-01 a       536     0    34     1     8
  3.0425665495668813E-01 a       537     0    34     1     9
 -9.9952634746333133E-02 a       538     0    34     1    10
 -1.8218471620151169E+00 a       539     0    34     1    11
  3.4835002995771985E-01 a       540     0    34     1    12
  8.5489752286284892E-01 a       541     0    34     1    13
  8.9831084493263702E-01 a       542     0    34     1    14
  8.3694627284765244E-01 a       543     0    34     1    15
  1.7106923445390410E-01 a       544     0    34     1    16
  5.0286462916114294E-01 a       545     0    35     1     1
  1.0510375311690558E+00 a       546     0    35     1     2
 -3.7239827290456606E+00 a       547     0    35     1     3
  1.0513202477403270E+00 a       548     0    35     1     4
 -3.1500838337451142E+00 a       549     0    35     1     5
  1.9895894903648688E+00 a       550     0    35     1     6
 -5.3038306613089925E-01 a       551     0    35     1     7
 -3.4805728638310658E+00 a       552     0    35     1     8
  7.4596077710439146E-01 a       553     0    35     1     9
  2.5067038485842321E+00 a       554     0    35     1    10
 -8.2142468041413408E-01 a       555     0    35     1    11
  2.0304561093883593E+00 a       556     0    35     1    12
  3.6014315367505021E+00 a       557     0    35     1    13
 -3.1403088745736868E-01 a       558     0    35     1    14
 -2.3301414530646953E+00 a       559     0    35     1    15
  8.1261426750563991E-03 a       560     0    35     1    16
  5.9184762777438546E-02 a       561     0    36     1     1
 -6.6366565018209978E-01 a       562     0    36     1     2
  1.2609100058933509E+00 a       563     0    36     1     3
  6.7198065030245846E-01 a       564     0    36     1     4
 -2.1943294094566804E-01 a       565     0    36     1     5
 -3.9491826097201960E-01 a       566     0    36     1     6
 -9.1952201058973315E-01 a       567     0    36     1     7
 -1.1592538391174712E+00 a       568     0    36     1     8
 -1.7166001634053183E+00 a       569     0    36     1     9
  7.2690993770300938E-01 a       570     0    36     1    10
 -7.8718901692691123E-01 a       571     0    36     1    11
 -1.1975611035953986E+00 a       572     0    36     1    12
  1.9184870496683761E+00 a       573     0    36     1    13
  4.8289969071581529E-01 a       574     0    36     1    14
 -2.4877001097967372E-01 a       575     0    36     1    15
  3.0219692527839993E-02 a       576     0    36     1    16
  8.8231408744134887E-01 a       577     0    37     1     1
  2.3035778921086472E+00 a       578     0    37     1     2
 -1.0368176726982679E+00 a       579     0    37     1     3
  1.0120314432948954E-01 a       580     0    37     1     4
 -1.7653031863782559E-01 a       581     0    37     1     5
  1.9065732311362433E+00 a       582     0    37     1     6
  4.9718211005066131E+00 a       583     0    37     1     7
 -5.9327461490530382E-03 a       584     0    37     1     8
  6.7819978016369603E-02 a       585     0    37     1     9
  8.2493871624401471E-01 a       586     0    37     1    10
  1.3386529969585066E+00 a       587     0    37     1    11
 -6.7996630804225209E+00 a       588     0    37     1    12
  1.9047019502627076E+00 a       589     0    37     1    13
 -1.3358501140128214E+00 a       590     0    37     1    14
 -4.5407613631288841E+00 a       591     0    37     1    15
  4.4777855413303254E+00 a       592     0    37     1    16
  2.4918383604257563E+00 a       593     0    38     1     1
 -2.7881167585439468E+00 a       594     0    38     1     2
  2.5817281442508460E+00 a       595     0    38     1     3
  2.2960939996745435E+00 a       596     0    38     1     4
 -5.6949489731140879E-01 a       597     0    38     1     5
 -8.8109064186288688E-01 a       598     0    38     1     6
  1.2877861112010631E+00 a       599     0    38     1     7
 -3.0044189179062326E+00 a       600     0    38     1     8
 -6.6792911805909849E+00 a       601     0    38     1     9
  1.9069597458260471E+01 a       602     0    38     1    10
 -1.1493240415741045E+01 a       603     0    38     1    11
  5.8745076445211284E+00 a       604     0    38     1    12
  6.9235410103654571E+00 a       605     0    38     1    13
 -1.6582356214227043E-01 a       606     0    38     1    14
 -1.2817480053546010E+01 a       607     0    38     1    15
  4.2750492519766459E+00 a       608     0    38     1    16
  4.5578779472718001E-01 a       609     0    39     1     1
 -1.9131338487065181E+00 a       610     0    39     1     2
 -4.8257784734077608E-01 a       611     0    39     1     3
 -4.5792395500776503E-02 a       612     0    39     1     4
 -5.0335106609322977E-01 a       613     0    39     1     5
  2.9499054880861492E-01 a       614     0    39     1     6
 -2.8453408655275803E-01 a       615     0    39     1     7
  2.0671974550903002E-01 a       616     0    39     1     8
  6.2098416727061978E-01 a       617     0    39     1     9
  2.3459805931639615E+00 a       618     0    39     1    10
  1.3986147129666544E+00 a       619     0    39     1    11
  3.2375727886197092E-01 a       620     0    39     1    12
 -2.9770645049995323E+00 a       621     0    39     1    13
  1.8805314939066453E+00 a       622     0    39     1    14
 -3.4939267402683312E+00 a       623     0    39     1    15
 -2.2611280025646612E+00 a       624     0    39     1    16
  7.6737095713210204E+00 a       625     0    40     1     1
 -6.6152446513673331E+00 a       626     0    40     1     2
 -3.2188873924601853E+00 a       627     0    40     1     3
 -5.2065395393140557E-01 a       628     0    40     1     4
 -2.7743587549184716E+00 a       629     0    40     1     5
  2.2605537869002270E+00 a       630     0    40     1     6
  3.8997164245403728E+00 a       631     0    40     1     7
  2.5193058033712976E+00 a       632     0    40     1     8
  2.2211720106586839E+00 a       633     0    40     1     9
  1.9693049817310251E+00 a       634     0    40     1    10
  1.0231895483172020E+00 a       635     0    40     1    11
  2.0480130900891131E+00 a       636     0    40     1    12
  4.3067703340053898E-01 a       637     0    40     1    13
  2.8435167121119558E+00 a       638     0    40     1    14
 -6.1659363372660998E+00 a       639     0    40     1    15
  7.9932512165634275E+00 a       640     0    40     1    16
  5.4174044648429707E+00 a       641     0    41     1     1
 -1.4793719922934807E+00 a       642     0    41     1     2
  1.7378003154664805E+00 a       643     0    41     1     3
 -1.4573527192976068E+00 a       644     0    41     1     4
  8.5504321521673177E+00 a       645     0    41     1     5
 -4.5463953536233914E+00 a       646     0    41     1     6
  6.8363885080217397E+00 a       647     0    41     1     7
  2.1262217370998551E+00 a       648     0    41     1     8
 -2.6314500475451843E+00 a       649     0    41     1     9
  2.5766086278081453E+00 a       650     0    41     1    10
 -8.1218745068890508E-01 a       651     0    41     1    11
  1.2585866475068840E+01 a       652     0    41     1    12
 -6.3220304147691841E+00 a       653     0    41     1    13
  5.3999884319191409E+00 a       654     0    41     1    14
 -5.0435263101256140E+00 a       655     0    41     1    15
 -8.3228877188331278E+00 a       656     0    41     1    16
  2.6503736278375647E+00 a       657     0    42     1     1
  1.6670041034675367E+00 a       658     0    42     1     2
 -4.4503303751003276E-01 a       659     0    42     1     3
  2.1993473190100324E-01 a       660     0    42     1     4
  1.0982151474266550E+00 a       661     0    42     1     5
 -4.1405888484057757E-01 a       662     0    42     1     6
  3.0823363511794399E+00 a       663     0    42     1     7
  7.6110593128300041E-01 a       664     0    42     1     8
 -3.1202773338157674E-01 a       665     0    42     1     9
  1.3523931719065658E+00 a       666     0    42     1    10
  1.2814334289712130E+00 a       667     0    42     1    11
  6.2464139929786002E+00 a       668     0    42     1    12
  2.9509341746387269E-01 a       669     0    42     1    13
  2.4146704707510911E+00 a       670     0    42     1    14
 -3.0084350822764994E+00 a       671     0    42     1    15
 -4.0837285170714068E+00 a       672     0    42     1    16
  1.4801165835120248E+01 a       673     0    43     1     1
  2.2924779492206909E+01 a       674     0    43     1     2
 -4.7209096885913109E+00 a       675     0    43     1     3
  2.4420131031796486E+00 a       676     0    43     1     4
 -9.4948761366584549E+00 a       677     0    43     1     5
 -8.8887676920249081E+00 a       678     0    43     1     6
  5.8445336389057116E+00 a       679     0    43     1     7
  1.5573970795645091E+00 a       680     0    43     1     8
  5.8771673087675262E+00 a       681     0    43     1     9
 -3.4348364137140464E+00 a       682     0    43     1    10
  2.5161356128490642E+01 a       683     0    43     1    11
  1.8317049759776047E+01 a       684     0    43     1    12
 -3.9211025746515773E+00 a       685     0    43     1    13
 -1.6975482931567832E+01 a       686     0    43     1    14
  3.9829464114153041E+00 a       687     0    43     1    15
 -9.0527390834534405E+00 a       688     0    43     1    16
 -5.1337693772408768E+00 a       689     0    44     1     1
  5.5040881847001248E+00 a       690     0    44     1     2
 -1.1265907683645844E+00 a       691     0    44     1     3
 -3.7877893128464857E+00 a       692     0    44     1     4
  8.5377698076092052E+00 a       693     0    44     1     5
  4.8920545995363289E+00 a       694     0    44     1     6
  5.9644733111414761E+00 a       695     0    44     1     7
  1.5531734276046723E+01 a       696     0    44     1     8
  1.0275533486830717E+01 a       697     0    44     1     9
 -3.9181855003121420E+01 a       698     0    44     1    10
  3.1061252106118191E+00 a       699     0    44     1    11
 -8.2755239024346032E+00 a       700     0    44     1    12
 -5.9145211951081897E+00 a       701     0    44     1    13
  4.2955757368785719E+00 a       702     0    44     1    14
  1.9000273489438079E+01 a       703     0    44     1    15
 -6.4021343505539035E+00 a       704     0    44     1    16
 -1.3546421346708871E-02 a       705     0    45     1     1
  3.6492451365078771E-01 a       706     0    45     1     2
  5.1200548200580673E+00 a       707     0    45     1     3
 -7.0478218576716933E-01 a       708     0    45     1     4
  7.3788271881126990E+00 a       709     0    45     1     5
  7.9578161090204635E-01 a       710     0    45     1     6
  5.4936189054502620E+00 a       711     0    45     1     7
  4.8323425171116812E+00 a       712     0    45     1     8
 -4.3646021101910426E+00 a       713     0    45     1     9
 -7.9232405441866298E+00 a       714     0    45     1    10
 -1.3753892250173903E+01 a       715     0    45     1    11
  2.7832129402027257E+00 a       716     0    45     1    12
  1.2308333117421963E+01 a       717     0    45     1    13
 -1.0522278090055941E+00 a       718     0    45     1    14
  7.6073752940654691E+00 a       719     0    45     1    15
  5.3364999792672085E+00 a       720     0    45     1    16
 -1.6163067687946029E+01 a       721     0    46     1     1
  8.0786111798248150E+00 a       722     0    46     1     2
  1.0486772667535259E+01 a       723     0    46     1     3
  5.2811078383672871E+00 a       724     0    46     1     4
  9.0534485687411141E+00 a       725     0    46     1     5
 -7.3417818944225601E+00 a       726     0    46     1     6
 -4.5847998826597189E+00 a       727     0    46     1     7
  3.3168725298878732E+00 a       728     0    46     1     8
 -1.2931327483335256E+01 a       729     0    46     1     9
 -1.5827248739373032E+00 a       730     0    46     1    10
 -1.0088131589705949E+01 a       731     0    46     1    11
 -2.1696273046223724E+00 a       732     0    46     1    12
  3.9754682384191420E+00 a       733     0    46     1    13
  9.6582155094746658E-01 a       734     0    46     1    14
  1.2922163567434966E+00 a       735     0    46     1    15
 -1.7791348685115633E+01 a       736     0    46     1    16
 -8.0446999629757077E+00 a       737     0    47     1     1
 -3.9516539918688136E+00 a       738     0    47     1     2
 -3.3807071596680713E+00 a       739     0    47     1     3
  3.5434606436664491E+00 a       740     0    47     1     4
 -1.5003128316877955E+01 a       741     0    47     1     5
  1.3485200762509109E+01 a       742     0    47     1     6
 -9.8705736961197434E+00 a       743     0    47     1     7
 -2.4404915511095884E+00 a       744     0    47     1     8
  4.4506024268368618E+00 a       745     0    47     1     9
 -2.2695433546800516E+00 a       746     0    47     1    10
  4.1156218272395870E+00 a       747     0    47     1    11
 -1.7327233855053574E+01 a       748     0    47     1    12
  1.8546185136893769E+01 a       749     0    47     1    13
 -7.2061975259016151E+00 a       750     0    47     1    14
  8.4965788740999262E+00 a       751     0    47     1    15
  1.2528604607020480E+01 a       752     0    47     1    16
  3.7264946068427069E+00 a       753     0    48     1     1
 -6.4176823707039015E+00 a       754     0    48     1     2
  1.1859067627142011E+01 a       755     0    48     1     3
  3.3078751551499295E+00 a       756     0    48     1     4
 -5.5604907357354687E+00 a       757     0    48     1     5
 -6.4307851256110826E+00 a       758     0    48     1     6
 -8.6325907144954126E+00 a       759     0    48     1     7
 -3.2001103293466873E+00 a       760     0    48     1     8
 -1.4477094815212894E+01 a       761     0    48     1     9
  1.5200458055677526E+00 a       762     0    48     1    10
 -7.4703250565571828E+00 a       763     0    48     1    11
 -1.4178528666675046E+01 a       764     0    48     1    12
  9.4006796274022673E+00 a       765     0    48     1    13
  4.8410833185539931E-02 a       766     0    48     1    14
 -4.2937845465457531E+00 a       767     0    48     1    15
  1.1564592312536352E+01 a       768     0    48     1    16
 -2.3102671260277345E+00 a       769     0    49     1     1
 -3.1155973531772499E+01 a       770     0    49     1     2
  1.4418018446755305E+01 a       771     0    49     1     3
  2.4294410516386888E-01 a       772     0    49     1     4
  1.0489468648787996E+01 a       773     0    49     1     5
  1.0524831683927374E+01 a       774     0    49     1     6
  7.4582267312592370E+00 a       775     0    49     1     7
  1.4040294938984054E+01 a       776     0    49     1     8
 -1.1649413150207740E+01 a       777     0    49     1     9
  1.1115552893278199E+01 a       778     0    49     1    10
 -3.0579898034205957E+01 a       779     0    49     1    11
 -1.9317146775705488E+01 a       780     0    49     1    12
  1.6615094766711902E+01 a       781     0    49     1    13
  4.5912770059949040E+01 a       782     0    49     1    14
 -2.5845177458946871E+01 a       783     0    49     1    15
  4.8678748712862046E+00 a       784     0    49     1    16
 -8.7368345369198630E-01 a       785     0    50     1     1
  1.2340960955473155E+00 a       786     0    50     1     2
 -5.2901843175451568E-01 a       787     0    50     1     3
 -5.2038338448341281E-01 a       788     0    50     1     4
  9.4868710079905438E-01 a       789     0    50     1     5
  7.7649528322421968E-01 a       790     0    50     1     6
  3.8986535742946243E-01 a       791     0    50     1     7
  2.3269693824452857E+00 a       792     0    50     1     8
  2.1727217438283657E+00 a       793     0    50     1     9
 -3.8992364140384246E+00 a       794     0    50     1    10
  2.1104889688933923E+00 a       795     0    50     1    11
 -1.8792928325635139E+00 a       796     0    50     1    12
 -2.4431479423632285E+00 a       797     0    50     1    13
  8.1755812226717339E-01 a       798     0    50     1    14
  1.7424509553668672E+00 a       799     0    50     1    15
 -1.8063644920346624E+00 a       800     0    50     1    16
 -1.0075156775680738E+00 a       801     0    51     1     1
  1.6768038114870334E+00 a       802     0    51     1     2
  1.0382264944589066E+00 a       803     0    51     1     3
  5.0483489620431046E-02 a       804     0    51     1     4
  5.2475840454287659E-01 a       805     0    51     1     5
 -1.0518312262279865E+00 a       806     0    51     1     6
 -6.2785862372707602E-01 a       807     0    51     1     7
 -3.4416384344319967E-01 a       808     0    51     1     8
 -7.9917545298087733E-01 a       809     0    51     1     9
  3.3801417933493927E-01 a       810     0    51     1    10
 -1.8464934004855291E-01 a       811     0    51     1    11
  4.1579132094860510E-01 a       812     0    51     1    12
 -2.2657011143625927E-01 a       813     0    51     1    13
 -4.6804054881067192E-01 a       814     0    51     1    14
  5.6400853178147425E-01 a       815     0    51     1    15
 -2.3892357264463810E+00 a       816     0    51     1    16
  3.6538750786869983E-01 a       817     0    52     1     1
 -5.9377970688550077E+00 a       818     0    52     1     2
  3.3863460776265404E+00 a       819     0    52     1     3
 -1.9894925155653748E-01 a       820     0    52     1     4
  3.7173884970762588E-01 a       821     0    52     1     5
  2.0938010362742134E+00 a       822     0    52     1     6
 -8.5159026621374534E-01 a       823     0    52     1     7
 -5.1533866904667991E-01 a       824     0    52     1     8
 -1.7487554413531086E+00 a       825     0    52     1     9
  3.7937679796328538E+00 a       826     0    52     1    10
 -2.6708708706429336E+00 a       827     0    52     1    11
  1.0106212172954089E-01 a       828     0    52     1    12
  3.2310010551684827E+00 a       829     0    52     1    13
  5.8800665767038964E+00 a       830     0    52     1    14
 -3.1215178205055323E+00 a       831     0    52     1    15
 -2.7933481517030465E+00 a       832     0    52     1    16
  1.8538160976094609E+00 a       833     0    53     1     1
  8.4029139182236605E+00 a       834     0    53     1     2
  2.0573170161239789E+00 a       835     0    53     1     3
  5.7243944838192617E-01 a       836     0    53     1     4
  1.6983398165868939E+00 a       837     0    53     1     5
  1.2634177796951203E+00 a       838     0    53     1     6
  3.9146247526483493E+00 a       839     0    53     1     7
  1.4117221173400820E+00 a       840     0    53     1     8
 -2.7794596124536830E+00 a       841     0    53     1     9
  1.1378698150916208E+01 a       842     0    53     1    10
 -5.8903821174199935E+00 a       843     0    53     1    11
  5.6249714512098326E+00 a       844     0    53     1    12
  5.4608188795730541E+00 a       845     0    53     1    13
 -5.0962514015850360E+00 a       846     0    53     1    14
 -5.7874838572435348E+00 a       847     0    53     1    15
  4.4727696081157280E+00 a       848     0    53     1    16
 -7.1584654690760574E-01 a       849     0    54     1     1
  2.5379686197409299E+00 a       850     0    54     1     2
 -8.6932489422687442E-01 a       851     0    54     1     3
 -7.8132293066481662E-01 a       852     0    54     1     4
  1.0992725681730964E+00 a       853     0    54     1     5
  2.3194509612256207E+00 a       854     0    54     1     6
  1.0566228512334972E+00 a       855     0    54     1     7
  4.2646687646848971E+00 a       856     0    54     1     8
  4.5136455832429450E+00 a       857     0    54     1     9
  7.8886009570901938E-01 a       858     0    54     1    10
  1.7606008635823158E+00 a       859     0    54     1    11
 -1.7052846623926754E+00 a       860     0    54     1    12
 -2.8405855823731159E+00 a       861     0    54     1    13
  1.5453593268946599E+00 a       862     0    54     1    14
  1.5896751474979764E-01 a       863     0    54     1    15
 -1.2814679353110960E+00 a       864     0    54     1    16
  9.3053358621557329E+00 a       865     0    55     1     1
 -1.1456733604415581E+00 a       866     0    55     1     2
 -5.3203707783829657E+00 a       867     0    55     1     3
 -3.8940779463944857E+00 a       868     0    55     1     4
  3.6818241051236833E-01 a       869     0    55     1     5
  6.0526035595160677E+00 a       870     0    55     1     6
  7.8261416142285611E+00 a       871     0    55     1     7
  6.0184041099169141E+00 a       872     0    55     1     8
  7.3808090450287160E+00 a       873     0    55     1     9
 -5.8721525810042348E+00 a       874     0    55     1    10
  4.5260042795097739E+00 a       875     0    55     1    11
 -1.4378617534600397E+00 a       876     0    55     1    12
 -5.7608060555602381E-01 a       877     0    55     1    13
 -3.1836308115588074E-02 a       878     0    55     1    14
  4.8349190656563240E-01 a       879     0    55     1    15
  1.1177978124960802E+01 a       880     0    55     1    16
  3.9719797741034149E+00 a       881     0    56     1     1
  3.2776934757905751E+00 a       882     0    56     1     2
  3.9049968564649942E+00 a       883     0    56     1     3
 -2.4034594565118135E+00 a       884     0    56     1     4
  1.0950089911327948E+01 a       885     0    56     1     5
 -6.7204773679084351E+00 a       886     0    56     1     6
  5.8974090019392609E+00 a       887     0    56     1     7
  3.7291855097115860E+00 a       888     0    56     1     8
 -2.0919136316970515E+00 a       889     0    56     1     9
 -1.0379425849877457E+00 a       890     0    56     1    10
 -8.2569219612965405E-01 a       891     0    56     1    11
  7.1576577452846601E+00 a       892     0    56     1    12
 -1.2318035613247375E+01 a       893     0    56     1    13
  2.4973136203041539E+00 a       894     0    56     1    14
 -8.1924612826686161E-01 a       895     0    56     1    15
 -6.8805961915737175E+00 a       896     0    56     1    16
 -1.9069622704912059E+00 a       897     0    57     1     1
  4.5109078062516161E+00 a       898     0    57     1     2
 -9.5212592811203955E-01 a       899     0    57     1     3
 -2.4666658245288464E+00 a       900     0    57     1     4
  1.0522394391313531E+01 a       901     0    57     1     5
  1.1892363233133247E+00 a       902     0    57     1     6
  7.4559280792020717E+00 a       903     0    57     1     7
  5.2076861310905587E+00 a       904     0    57     1     8
  5.0627292287974723E-01 a       905     0    57     1     9
 -6.6395793249826394E+00 a       906     0    57     1    10
 -4.8307374990511431E-01 a       907     0    57     1    11
  2.7150875834041659E+00 a       908     0    57     1    12
 -4.4579880320765213E+00 a       909     0    57     1    13
  3.3791706210581682E+00 a       910     0    57     1    14
  4.6312811002385884E-01 a       911     0    57     1    15
 -9.2279299606277156E+00 a       912     0    57     1    16
  2.1794680080851583E+00 a       913     0    58     1     1
  2.4232950032647718E+01 a       914     0    58     1     2
 -8.5038075129831796E+00 a       915     0    58     1     3
  1.0228127716528528E+00 a       916     0    58     1     4
 -1.9921193912321937E+00 a       917     0    58     1     5
 -2.4522179558470785E+00 a       918     0    58     1     6
  2.9498181842102862E+00 a       919     0    58     1     7
 -4.8152652635477953E+00 a       920     0    58     1     8
  6.0970475206581098E-01 a       921     0    58     1     9
 -8.6270107097786521E+00 a       922     0    58     1    10
  1.2029989891824698E+01 a       923     0    58     1    11
 -7.1829891590664952E-01 a       924     0    58     1    12
 -1.5049662854523708E+01 a       925     0    58     1    13
 -1.8686649491641923E+01 a       926     0    58     1    14
 -1.4143602508046477E+01 a       927     0    58     1    15
 -6.1743415579446816E+00 a       928     0    58     1    16
 -1.5471847639403356E+01 a       929     0    59     1     1
 -3.3659524721967866E+00 a       930     0    59     1     2
 -6.3402366519250641E+00 a       931     0    59     1     3
  1.7690141504840171E+00 a       932     0    59     1     4
 -1.4896050760183968E+00 a       933     0    59     1     5
  6.9387155461968399E+00 a       934     0    59     1     6
 -1.0508017345259020E+01 a       935     0    59     1     7
 -9.6057888808921970E+00 a       936     0    59     1     8
  2.3731704622327437E-01 a       937     0    59     1     9
  4.0603384291294171E+00 a       938     0    59     1    10
  2.8521749399479632E+00 a       939     0    59     1    11
 -8.5619405462794518E+00 a       940     0    59     1    12
 -6.5208913202988255E+00 a       941     0    59     1    13
 -3.2673596393942095E+00 a       942     0    59     1    14
 -1.2988310157059431E+00 a       943     0    59     1    15
  1.1097924546463398E+00 a       944     0    59     1    16
  2.3307455091529512E+00 a       945     0    60     1     1
 -1.0216798516855274E+01 a       946     0    60     1     2
 -1.5894483724666453E+00 a       947     0    60     1     3
  8.8158241190932685E-01 a       948     0    60     1     4
 -7.8593072649308953E+00 a       949     0    60     1     5
 -4.8963775278809019E+00 a       950     0    60     1     6
 -8.4830549940311073E+00 a       951     0    60     1     7
 -1.2520976044455269E+01 a       952     0    60     1     8
 -2.7590085946812652E+00 a       953     0    60     1     9
  1.1123017345519425E+01 a       954     0    60     1    10
  8.3592905541115741E+00 a       955     0    60     1    11
  6.1767740251189429E-01 a       956     0    60     1    12
 -2.9525177259871556E+00 a       957     0    60     1    13
  1.1161001941260278E+00 a       958     0    60     1    14
 -2.6363458925497101E+00 a       959     0    60     1    15
 -1.5839231729337866E+00 a       960     0    60     1    16
  2.9625460020573663E-01 a       961     0    61     1     1
 -2.2810739062478445E+00 a       962     0    61     1     2
 -2.3407127943579620E+00 a       963     0    61     1     3
 -1.4626809817298969E+00 a       964     0    61     1     4
 -6.1270706080651829E+00 a       965     0    61     1     5
  3.5219561271668776E-01 a       966     0    61     1     6
 -5.4282587540586729E+00 a       967     0    61     1     7
 -1.0572219496215787E+01 a       968     0    61     1     8
  3.0735521288708409E+00 a       969     0    61     1     9
  5.8118998369269557E+00 a       970     0    61     1    10
  3.0949230436745645E+00 a       971     0    61     1    11
  2.0069021427227951E+00 a       972     0    61     1    12
 -3.3697209809117701E+00 a       973     0    61     1    13
 -2.4425992272585093E+00 a       974     0    61     1    14
  1.9222411268966200E+00 a       975     0    61     1    15
  5.1988218403838338E-01 a       976     0    61     1    16
 -5.1431792517732804E+00 a       977     0    62     1     1
  4.8253282204824322E-01 a       978     0    62     1     2
 -1.0460317225597974E+01 a       979     0    62     1     3
 -1.3449047840481769E+00 a       980     0    62     1     4
 -4.6263429236041054E+00 a       981     0    62     1     5
  7.0968478152664298E+00 a       982     0    62     1     6
 -3.9603490331909830E-01 a       983     0    62     1     7
 -1.5461791032106922E-01 a       984     0    62     1     8
  1.3799040050481297E+01 a       985     0    62     1     9
  2.1366917895605080E+00 a       986     0    62     1    10
  7.0189092701311067E+00 a       987     0    62     1    11
  4.4032698718447962E+00 a       988     0    62     1    12
 -5.8282711275641716E+00 a       989     0    62     1    13
 -4.8962521730609057E+00 a       990     0    62     1    14
  6.1392347696148768E+00 a       991     0    62     1    15
  7.9631068660564808E-01 a       992     0    62     1    16
  9.9180870792269815E-01 a       993     0    63     1     1
 -3.6699909281952847E-01 a       994     0    63     1     2
 -2.4473887255524316E+00 a       995     0    63     1     3
  1.0015848724562473E+00 a       996     0    63     1     4
 -6.8095742163192403E+00 a       997     0    63     1     5
 -2.3400845410742748E+00 a       998     0    63     1     6
 -5.2255937157385004E+00 a       999     0    63     1     7
 -7.9036555222356837E+00 a      1000     0    63     1     8
 -1.1289807629824089E+00 a      1001     0    63     1     9
  4.2431454582505275E+00 a      1002     0    63     1    10
  1.0231291753568602E+01 a      1003     0    63     1    11
 -1.4650108393601837E+00 a      1004     0    63     1    12
 -5.8638750165750455E+00 a      1005     0    63     1    13
 -2.3128928167270604E+00 a      1006     0    63     1    14
 -4.2006015004634056E+00 a      1007     0    63     1    15
 -2.2783549895358512E+00 a      1008     0    63     1    16
 -1.5691993412466956E+00 a      1009     0    64     1     1
 -1.1132751198769281E+01 a      1010     0    64     1     2
  4.9418002265519982E+00 a      1011     0    64     1     3
 -3.4750274924771296E+00 a      1012     0    64     1     4
  2.1270653314416914E+00 a      1013     0    64     1     5
 -7.0515483825848744E+00 a      1014     0    64     1     6
 -9.5587584450368492E+00 a      1015     0    64     1     7
  2.2952506622954236E-01 a      1016     0    64     1     8
  1.9384108437664911E+00 a      1017     0    64     1     9
 -5.1590524299007487E+00 a      1018     0    64     1    10
 -3.2069348681510164E+00 a      1019     0    64     1    11
  1.3231437948579877E+01 a      1020     0    64     1    12
  6.3236774583449353E+00 a      1021     0    64     1    13
 -7.6355002295415959E+00 a      1022     0    64     1    14
  4.0063422075384544E+01 a      1023     0    64     1    15
  4.0025961794425244E+00 a      1024     0    64     1    16
  3.3118329733941515E-01 b      1025     1     1
  2.3013460646176712E-02 b      1026     1     2
  4.7113934390819068E-02 b      1027     1     3
  3.0624688288564583E-01 b      1028     1     4
  3.0153846649838656E-01 b      1029     1     5
  2.1791755989967795E-01 b      1030     1     6
  3.6418919439799319E-01 b      1031     1     7
  8.8315246581944631E-02 b      1032     1     8
  4.1679457644871687E-01 b      1033     1     9
  4.3149277252172996E-01 b      1034     1    10
  2.8397759092250052E-01 b      1035     1    11
  2.2811508171538164E-01 b      1036     1    12
  5.5042950507251587E-01 b      1037     1    13
  5.9091262083741269E-01 b      1038     1    14
  6.0529707198303939E-01 b      1039     1    15
  6.3899170699082175E-01 b      1040     1    16
  5.6962178516985285E-01 a      1041     1     1     2     1
  4.6301123001039651E-01 a      1042     1     1     2     2
  1.2589008794065701E+00 a      1043     1     1     2     3
  4.9279171138785758E+00 a      1044     1     1     2     4
  5.9431907557482544E-01 a      1045     1     1     2     5
 -2.1036372872005966E+00 a      1046     1     1     2     6
 -6.7148627302098951E-01 a      1047     1     1     2     7
 -1.3040994359983576E-01 a      1048     1     1     2     8
 -3.1597962101916621E-02 a      1049     1     1     2     9
 -1.0557687944187435E+00 a      1050     1     1     2    10
  2.2788010383703705E+00 a      1051     1     1     2    11
  1.1017448745205431E+00 a      1052     1     1     2    12
  1.0375992510231806E-01 a      1053     1     1     2    13
  1.4597043244978525E+00 a      1054     1     1     2    14
  3.9997100902391164E-01 a      1055     1     1     2    15
  3.8385154067669169E-01 a      1056     1     1     2    16
  7.3024874982051768E-01 a      1057     1     2     2     1
  1.7513450183844776E+00 a      1058     1     2     2     2
  1.0517603190052336E+00 a      1059     1     2     2     3
  9.2420925960847791E-02 a      1060     1     2     2     4
  3.4064843126387259E-02 a      1061     1     2     2     5
 -7.6256038335065701E-01 a      1062     1     2     2     6
 -2.4166583397275090E-01 a      1063     1     2     2     7
  6.5875472414126424E-01 a      1064     1     2     2     8
 -3.6411374975574212E-01 a      1065     1     2     2     9
  2.6656450550627125E-01 a      1066     1     2     2    10
  1.4625423505236892E+00 a      1067     1     2     2    11
  8.2205446986909969E-01 a      1068     1     2     2    12
  7.7183624753589042E-01 a      1069     1     2     2    13
 -3.3963718830690959E-01 a      1070     1     2     2    14
  5.2442028159505683E-01 a      1071     1     2     2    15
 -3.6214419167857143E-01 a      1072     1     2     2    16
  1.0294713811248561E+00 a      1073     1     3     2     1
 -2.7210726945911743E+00 a      1074     1     3     2     2
 -2.3102531438864977E+00 a      1075     1     3     2     3
 -1.6383525261781606E-01 a      1076     1     3     2     4
 -1.1424363376307052E+00 a      1077     1     3     2     5
 -1.5044776906945709E+00 a      1078     1     3     2     6
 -1.3024576404588559E-01 a      1079     1     3     2     7
 -5.2552144839276127E-01 a      1080     1     3     2     8
  2.2830626415858601E-01 a      1081     1     3     2     9
  1.4028866720913820E+00 a      1082     1     3     2    10
 -1.3202350641445102E+00 a      1083     1     3     2    11
 -1.3422070063169547E+00 a      1084     1     3     2    12
 -7.5722915323765849E-01 a      1085     1     3     2    13
 -1.7993665790012512E+00 a      1086     1     3     2    14
 -4.4295797473738165E-02 a      1087     1     3     2    15
  4.7803733091018502E-01 a      1088     1     3     2    16
 -1.6508961222265210E+00 a      1089     1     4     2     1
  1.1269725588557018E+00 a      1090     1     4     2     2
 -8.1047760096657173E-01 a      1091     1     4     2     3
 -8.2225376104279646E-01 a      1092     1     4     2     4
  1.6242232641364426E-01 a      1093     1     4     2     5
  7.2573023068695242E-01 a      1094     1     4     2     6
 -8.5953734567291551E-01 a      1095     1     4     2     7
  5.1684919634046855E-01 a      1096     1     4     2     8
  5.4739411386534720E-01 a      1097     1     4     2     9
  1.1740857647134142E+00 a      1098     1     4     2    10
 -1.7747184716020534E+00 a      1099     1     4     2    11
  1.4769583572019691E+00 a      1100     1     4     2    12
 -1.2611864282021873E-01 a      1101     1     4     2    13
  2.1788248455982102E+00 a      1102     1     4     2    14
  1.4993531309188581E+00 a      1103     1     4     2    15
  7.8629425709134437E-01 a      1104     1     4     2    16
 -7.0444071843296940E-01 a      1105     1     5     2     1
  1.2739485057275017E+00 a      1106     1     5     2     2
 -2.2901035258285513E-01 a      1107     1     5     2     3
 -1.6006938675059523E+00 a      1108     1     5     2     4
  3.6891689841436404E-01 a      1109     1     5     2     5
 -1.7561862546920355E+00 a      1110     1     5     2     6
  2.8135260187006617E-01 a      1111     1     5     2     7
  4.4035663226186023E-01 a      1112     1     5     2     8
  3.3192621850553672E-01 a      1113     1     5     2     9
  7.0759039326665485E-01 a      1114     1     5     2    10
  5.1793889461807585E-01 a      1115     1     5     2    11
  1.4556106894039789E+00 a      1116     1     5     2    12
 -8.7962454272824531E-01 a      1117     1     5     2    13
 -3.0068164579732644E+00 a      1118     1     5     2    14
  2.3463024460052657E+00 a      1119     1     5     2    15
  4.9122192551813643E-01 a      1120     1     5     2    16
 -6.0298134499550338E-01 a      1121     1     6     2     1
 -5.7292696066522053E-01 a      1122     1     6     2     2
 -9.2769269310601921E-01 a      1123     1     6     2     3
  1.0907982479922553E+00 a      1124     1     6     2     4
 -1.0477976757434412E-01 a      1125     1     6     2     5
 -2.3733851540917588E+00 a      1126     1     6     2     6
 -4.9230566168729695E-01 a      1127     1     6     2     7
 -8.3294138048574728E-01 a      1128     1     6     2     8
 -4.3348130074469937E-01 a      1129     1     6     2     9
 -8.7197300767036567E-01 a      1130     1     6     2    10
 -4.3153052159676458E-01 a      1131     1     6     2    11
 -8.2324268982346760E-01 a      1132     1     6     2    12
  8.3852370718510660E-01 a      1133     1     6     2    13
 -1.7882653777912691E-01 a      1134     1     6     2    14
 -1.6780400629484222E+00 a      1135     1     6     2    15
 -6.4002860858299482E-01 a      1136     1     6     2    16
  2.8738630222193534E-01 a      1137     1     7     2     1
 -2.1243989271485977E+00 a      1138     1     7     2     2
  1.4999627914988720E+00 a      1139     1     7     2     3
  1.3948416246160098E+00 a      1140     1     7     2     4
 -1.9757366536608464E-01 a      1141     1     7     2     5
  4.8533445537403175E+00 a      1142     1     7     2     6
 -1.3797649737508575E+00 a      1143     1     7     2     7
 -9.4368914322229946E-01 a      1144     1     7     2     8
  4.1869755841617291E-02 a      1145     1     7     2     9
  8.1248762830714294E-01 a      1146     1     7     2    10
 -2.0564947804743370E+00 a      1147     1     7     2    11
 -1.0676184885844278E+00 a      1148     1     7     2    12
  2.2401355269767712E-01 a      1149     1     7     2    13
  2.5319594807226582E+00 a      1150     1     7     2    14
 -1.4675551602871821E+00 a      1151     1     7     2    15
 -3.6706267816436700E-01 a      1152     1     7     2    16
  7.0594462943974401E-01 a      1153     1     8     2     1
  2.3938320744313882E-01 a      1154     1     8     2     2
  1.4588976736778034E+00 a      1155     1     8     2     3
  1.7504776614877796E-01 a      1156     1     8     2     4
  3.5766770622658600E-01 a      1157     1     8     2     5
 -1.1652223542908704E+00 a      1158     1     8     2     6
  1.9109571637731576E-01 a      1159     1     8     2     7
 -5.9207061470857847E-01 a      1160     1     8     2     8
 -2.0904392863955232E-01 a      1161     1     8     2     9
 -1.0776521114369026E+00 a      1162     1     8     2    10
  1.4235117659755603E+00 a      1163     1     8     2    11
  1.7689484059643956E-01 a      1164     1     8     2    12
 -2.3394411683347663E-01 a      1165     1     8     2    13
  1.5065707773946013E+00 a      1166     1     8     2    14
 -1.3399662766471858E+00 a      1167     1     8     2    15
 -7.0447243744215821E-02 a      1168     1     8     2    16
  2.3026425986833754E+00 a      1169     1     9     2     1
 -2.2879633182137575E+00 a      1170     1     9     2     2
  1.4843412383714871E+00 a      1171     1     9     2     3
 -7.8249509146003282E-01 a      1172     1     9     2     4
 -2.1314720006261142E-01 a      1173     1     9     2     5
  2.0710691947641013E+00 a      1174     1     9     2     6
  2.4425423252089409E-01 a      1175     1     9     2     7
 -4.1534298551265714E-01 a      1176     1     9     2     8
  7.5466542632345335E-01 a      1177     1     9     2     9
  3.5238548168608902E-01 a      1178     1     9     2    10
 -5.1866164793193843E-02 a      1179     1     9     2    11
  4.4348741730174790E-01 a      1180     1     9     2    12
  1.0675821027853882E+00 a      1181     1     9     2    13
  1.2557449051467808E+00 a      1182     1     9     2    14
  6.5404566946528719E-01 a      1183     1     9     2    15
 -6.9893675004145750E-01 a      1184     1     9     2    16
 -1.8428609012127464E+00 a      1185     1    10     2     1
 -4.3456171597166116E-01 a      1186     1    10     2     2
  7.2203205215814292E-01 a      1187     1    10     2     3
 -1.2997179847235656E+00 a      1188     1    10     2     4
  1.6907855888957180E-01 a      1189     1    10     2     5
 -2.8642903683791365E+00 a      1190     1    10     2     6
 -9.6220212124358107E-01 a      1191     1    10     2     7
 -9.1887660950369388E-01 a      1192     1    10     2     8
 -3.7010203900388444E-01 a      1193     1    10     2     9
 -9.9763466231519227E-01 a      1194     1    10     2    10
  8.3386635828209188E-01 a      1195     1    10     2    11
 -6.5010254765636699E-01 a      1196     1    10     2    12
 -3.1157505918636924E-01 a      1197     1    10     2    13
 -1.0907655101660165E+00 a      1198     1    10     2    14
 -1.1641705546210930E+00 a      1199     1    10     2    15
 -1.1861482033664299E-01 a      1200     1    10     2    16
 -3.5686000124159695E-01 a      1201     1    11     2     1
 -9.1260833053555668E-01 a      1202     1    11     2     2
  9.2716987012111771E-02 a      1203     1    11     2     3
  3.8997873633779059E+00 a      1204     1    11     2     4
 -1.9965536313984258E-01 a      1205     1    11     2     5
 -1.7052796816477886E+00 a      1206     1    11     2     6
  2.1915279530239634E-01 a      1207     1    11     2     7
  5.3667846446412049E-01 a      1208     1    11     2     8
 -7.2891457286231268E-02 a      1209     1    11     2     9
  5.1452711628585246E-01 a      1210     1    11     2    10
 -4.3842718537838060E-01 a      1211     1    11     2    11
  4.1401006243198823E-01 a      1212     1    11     2    12
  6.8933627475994863E-01 a      1213     1    11     2    13
 -2.2094714519173131E+00 a      1214     1    11     2    14
  1.3250714114141122E+00 a      1215     1    11     2    15
  7.6003609223895541E-01 a      1216     1    11     2    16
  1.0992564162856819E+00 a      1217     1    12     2     1
 -3.5804570054480839E-01 a      1218     1    12     2     2
  1.1763510577621163E+00 a      1219     1    12     2     3
 -2.9481723195344589E+00 a      1220     1    12     2     4
 -9.5791780700707777E-02 a      1221     1    12     2     5
  1.6289692017898654E+00 a      1222     1    12     2     6
  3.7918201488535169E-01 a      1223     1    12     2     7
  2.6274673817284289E-01 a      1224     1    12     2     8
  9.4821880976142716E-03 a      1225     1    12     2     9
 -5.6413671256172426E-01 a      1226     1    12     2    10
  4.0898461278682674E-01 a      1227     1    12     2    11
 -4.2161583345457254E-01 a      1228     1    12     2    12
 -1.6230200565823860E+00 a      1229     1    12     2    13
  1.5626963645111454E+00 a      1230     1    12     2    14
  3.9527789584925260E-01 a      1231     1    12     2    15
  4.7785565509699501E-01 a      1232     1    12     2    16
  4.5555096519906482E-02 a      1233     1    13     2     1
  9.5576665098098013E-01 a      1234     1    13     2     2
  1.8185577719954329E+00 a      1235     1    13     2     3
  1.6617093991230247E+00 a      1236     1    13     2     4
  2.5610318781256464E-01 a      1237     1    13     2     5
 -3.8734305561514260E-01 a      1238     1    13     2     6
  3.9130348434188217E-01 a      1239     1    13     2     7
 -2.7649666337047168E-01 a      1240     1    13     2     8
  3.2007569464686420E-01 a      1241     1    13     2     9
  9.1789258104600646E-01 a      1242     1    13     2    10
  6.0557762966580213E-02 a      1243     1    13     2    11
  3.0043105279751760E-02 a      1244     1    13     2    12
 -3.3889346076501214E-01 a      1245     1    13     2    13
 -5.6764209269307686E-01 a      1246     1    13     2    14
  7.3535833152152646E-02 a      1247     1    13     2    15
 -2.4069026857406625E-01 a      1248     1    13     2    16
 -3.2422538971949452E-02 a      1249     1    14     2     1
  9.2140362899282735E-01 a      1250     1    14     2     2
 -2.1893013024187474E-01 a      1251     1    14     2     3
  1.3547315033573619E+00 a      1252     1    14     2     4
 -2.9913647473847321E-01 a      1253     1    14     2     5
  1.1236260903257513E+00 a      1254     1    14     2     6
 -1.7851104621302225E-01 a      1255     1    14     2     7
  1.0622535893349243E+00 a      1256     1    14     2     8
 -4.2196787835022442E-01 a      1257     1    14     2     9
  6.0931413592301609E-01 a      1258     1    14     2    10
 -1.2657436158001820E-01 a      1259     1    14     2    11
  6.6696494738391632E-01 a      1260     1    14     2    12
  9.0356021196796654E-01 a      1261     1    14     2    13
 -1.1846637887198179E+00 a      1262     1    14     2    14
  6.5865968529334540E-01 a      1263     1    14     2    15
 -2.9237559734119334E-01 a      1264     1    14     2    16
 -1.5444789484383126E+00 a      1265     1    15     2     1
  6.7516600391061965E-01 a      1266     1    15     2     2
 -1.1152197442190792E+00 a      1267     1    15     2     3
  1.8403407823754694E+00 a      1268     1    15     2     4
  1.8912133307172854E-01 a      1269     1    15     2     5
  1.1777620168751772E+00 a      1270     1    15     2     6
 -5.2073788311179370E-01 a      1271     1    15     2     7
 -4.8786215362910904E-02 a      1272     1    15     2     8
 -2.4326688975319860E-01 a      1273     1    15     2     9
 -1.4693364677793694E+00 a      1274     1    15     2    10
 -2.7318393514069467E-01 a      1275     1    15     2    11
 -1.5613232276935743E-01 a      1276     1    15     2    12
  8.5991710213215866E-01 a      1277     1    15     2    13
  1.0121627784484708E+00 a      1278     1    15     2    14
 -4.2022574069841656E-01 a      1279     1    15     2    15
  4.2085724287299459E-01 a      1280     1    15     2    16
  7.9175858192004878E-01 a      1281     1    16     2     1
 -9.1601604470730413E-01 a      1282     1    16     2     2
 -1.0304155834532369E+00 a      1283     1    16     2     3
 -2.1603404247707769E+00 a      1284     1    16     2     4
 -5.8543967206500691E-01 a      1285     1    16     2     5
  2.0651657111849904E+00 a      1286     1    16     2     6
  7.1362875439035833E-01 a      1287     1    16     2     7
  1.2372019632915274E+00 a      1288     1    16     2     8
 -2.6567143061464582E-01 a      1289     1    16     2     9
 -5.0025806911795434E-01 a      1290     1    16     2    10
 -1.2195817315033244E+00 a      1291     1    16     2    11
 -8.3056417338195176E-01 a      1292     1    16     2    12
 -1.7118662297385223E+00 a      1293     1    16     2    13
 -6.9597532078876079E-01 a      1294     1    16     2    14
  6.4016183507803814E-01 a      1295     1    16     2    15
 -8.7301542846059310E-01 a      1296     1    16     2    16
  1.0344686151172717E+00 b      1297     2     1
  6.9630618788804266E-01 b      1298     2     2
  1.3237199284362409E+00 b      1299     2     3
 -2.1021627411294252E+00 b      1300     2     4
 -4.3402499305138387E-01 b      1301     2     5
 -2.5173004509890720E+00 b      1302     2     6
  3.4682457125438043E-01 b      1303     2     7
 -7.4248845576740286E-01 b      1304     2     8
 -7.6793538356277591E-01 b      1305     2     9
  1.4903099619948412E-01 b      1306     2    10
  2.5324816173456437E+00 b      1307     2    11
 -1.5302101009579552E-01 b      1308     2    12
  9.7733613395515273E-01 b      1309     2    13
  1.5907544068333104E+00 b      1310     2    14
 -1.9040454958624282E+00 b      1311     2    15
 -3.8164397132927311E-02 b      1312     2    16
  3.8916887306925510E-02 a      1313     2     1     3     1
 -5.3745656433064727E-03 a      1314     2     2     3     1
 -3.2056580217319421E-02 a      1315     2     3     3     1
 -6.1772686953925513E-03 a      1316     2     4     3     1
  5.6424024315423893E-01 a      1317     2     5     3     1
 -9.8205184272011099E-04 a      1318     2     6     3     1
  4.9092761877078722E-01 a      1319     2     7     3     1
 -1.7903848579888795E-01 a      1320     2     8     3     1
 -6.5310129892547331E-01 a      1321     2     9     3     1
  2.3705846611543072E-02 a      1322     2    10     3     1
 -1.3710236922979454E-02 a      1323     2    11     3     1
 -5.0836091854890839E-02 a      1324     2    12     3     1
  1.4208142396604884E-02 a      1325     2    13     3     1
 -9.4287560351322790E-03 a      1326     2    14     3     1
  8.7971857425947209E-02 a      1327     2    15     3     1
 -4.8821577895674019E-02 a      1328     2    16     3     1
  1.1095602742275658E-01 b      1329     3     1
