################################################################################
# Neural network connection values (weights and biases).
################################################################################
# Col  Name       Description
################################################################################
# 1    connection Neural network connection value.
# 2    t          Connection type (a = weight, b = bias).
# 3    index      Index enumerating weights.
# 4    l_s        Starting point layer (end point layer for biases).
# 5    n_s        Starting point neuron in starting layer (end point neuron for biases).
# 6    l_e        End point layer.
# 7    n_e        End point neuron in end layer.
################################################################################
#                      1 2         3     4     5     6     7
#             connection t     index   l_s   n_s   l_e   n_e
############################################################
 -5.6950317916816973E+00 a         1     0     1     1     1
  2.1404387237550671E+00 a         2     0     1     1     2
  1.8061167397556859E+00 a         3     0     1     1     3
 -6.4876338650243550E+00 a         4     0     1     1     4
 -4.0625156450708024E+00 a         5     0     1     1     5
  3.7400916202076369E+00 a         6     0     1     1     6
 -1.7274507504858787E+00 a         7     0     1     1     7
  3.0772114975348424E+00 a         8     0     1     1     8
 -2.7399271393117184E+00 a         9     0     1     1     9
 -3.0691261130439873E-01 a        10     0     1     1    10
 -6.2138199752841849E+00 a        11     0     1     1    11
 -6.2420872260271985E+00 a        12     0     1     1    12
 -1.5306068298824432E-01 a        13     0     1     1    13
 -7.6398130770616723E-01 a        14     0     1     1    14
 -3.1847007921320145E+00 a        15     0     1     1    15
  2.7103689904616663E+00 a        16     0     1     1    16
 -1.8049979549154229E+00 a        17     0     2     1     1
 -2.0939968130018425E+00 a        18     0     2     1     2
 -6.2414268854774804E+00 a        19     0     2     1     3
 -9.1087216605922787E+00 a        20     0     2     1     4
 -4.6825907794813872E+00 a        21     0     2     1     5
 -2.8898973571761002E+00 a        22     0     2     1     6
 -6.0966398571829439E+00 a        23     0     2     1     7
  4.5671043398174858E+00 a        24     0     2     1     8
 -3.6068233856732967E+00 a        25     0     2     1     9
  7.2681349941516675E+00 a        26     0     2     1    10
 -2.6129313728320600E+00 a        27     0     2     1    11
 -2.1677829573905045E+00 a        28     0     2     1    12
  1.4339677393470751E+00 a        29     0     2     1    13
 -3.0070834281245462E+00 a        30     0     2     1    14
 -4.7528167423904094E-01 a        31     0     2     1    15
  1.6427553919509781E+00 a        32     0     2     1    16
 -1.8355574988752949E+01 a        33     0     3     1     1
 -6.7556224942175691E-01 a        34     0     3     1     2
  4.7211325141955589E+00 a        35     0     3     1     3
 -4.9554480931523122E+00 a        36     0     3     1     4
  1.2463894862855550E+01 a        37     0     3     1     5
 -1.6090748538038579E+01 a        38     0     3     1     6
 -2.9344832263509013E+00 a        39     0     3     1     7
  2.7589706582623785E+00 a        40     0     3     1     8
  3.9873122258146965E+00 a        41     0     3     1     9
  8.8125190383067888E+00 a        42     0     3     1    10
  1.1239702457296925E+01 a        43     0     3     1    11
 -2.2774015883556578E+00 a        44     0     3     1    12
  1.2242797558950938E+01 a        45     0     3     1    13
  1.1063236164432876E-01 a        46     0     3     1    14
  6.6603316474999383E+00 a        47     0     3     1    15
  5.9277422356241249E+00 a        48     0     3     1    16
 -8.1885552541146503E-02 a        49     0     4     1     1
  4.9527445111103274E+00 a        50     0     4     1     2
  1.6551522561339502E+00 a        51     0     4     1     3
  7.4323855334827051E+00 a        52     0     4     1     4
  4.8236694511963440E+00 a        53     0     4     1     5
  2.5054063045242967E+00 a        54     0     4     1     6
  7.8364161678272604E-01 a        55     0     4     1     7
 -7.4198793819279709E+00 a        56     0     4     1     8
  7.4355882809145091E-01 a        57     0     4     1     9
 -1.2243949363248571E+01 a        58     0     4     1    10
  2.3277680359521122E+00 a        59     0     4     1    11
  3.5134362915522512E+00 a        60     0     4     1    12
 -4.2828519552335917E+00 a        61     0     4     1    13
 -3.2340642814379308E+00 a        62     0     4     1    14
 -4.9389845715950873E+00 a        63     0     4     1    15
  2.2422757028201512E+00 a        64     0     4     1    16
  1.3895468996438465E+01 a        65     0     5     1     1
  1.9185366211655801E+00 a        66     0     5     1     2
 -1.2197209076192232E+00 a        67     0     5     1     3
  8.8008214563969389E+00 a        68     0     5     1     4
 -8.0116044947991227E+00 a        69     0     5     1     5
  1.4508892294496688E+01 a        70     0     5     1     6
  2.9661774403949686E+00 a        71     0     5     1     7
  4.0188615250170887E+00 a        72     0     5     1     8
  9.4291608326959686E-01 a        73     0     5     1     9
 -1.8705761891196124E+00 a        74     0     5     1    10
 -2.0466953667023123E+01 a        75     0     5     1    11
  2.9173547388529963E-01 a        76     0     5     1    12
 -1.5568162808765003E+01 a        77     0     5     1    13
  4.9353284180553486E-01 a        78     0     5     1    14
 -1.1469896107598739E+01 a        79     0     5     1    15
  2.0868376635317434E+00 a        80     0     5     1    16
  4.3629711715675521E+00 a        81     0     6     1     1
 -1.1540414343947238E+00 a        82     0     6     1     2
 -9.0377121749174383E-01 a        83     0     6     1     3
  5.5584282810746535E+00 a        84     0     6     1     4
  2.7394933927879794E+00 a        85     0     6     1     5
 -2.7556140688526969E+00 a        86     0     6     1     6
 -2.0997415015841416E+00 a        87     0     6     1     7
 -2.1761732953135273E+00 a        88     0     6     1     8
  1.9769894066264431E+00 a        89     0     6     1     9
 -3.7936103265311499E-01 a        90     0     6     1    10
  3.2714806945579968E+00 a        91     0     6     1    11
  5.4353093132649120E+00 a        92     0     6     1    12
  7.5764333367195713E-01 a        93     0     6     1    13
  1.0837794661285165E+00 a        94     0     6     1    14
  2.0361690436649393E+00 a        95     0     6     1    15
 -5.2605391684450897E-01 a        96     0     6     1    16
  2.4929457268313215E+00 a        97     0     7     1     1
 -2.8181045759320047E+00 a        98     0     7     1     2
  4.9917709269983912E-01 a        99     0     7     1     3
 -7.1241657872172315E-01 a       100     0     7     1     4
 -2.0275942232895368E+00 a       101     0     7     1     5
  2.7684382642924730E+00 a       102     0     7     1     6
  2.3734974639454056E+00 a       103     0     7     1     7
  2.2890363178437716E+00 a       104     0     7     1     8
  2.3741964664318980E+00 a       105     0     7     1     9
  6.6756803912007001E+00 a       106     0     7     1    10
 -1.1822579944596132E+00 a       107     0     7     1    11
 -4.9096390717642358E-01 a       108     0     7     1    12
  2.5391982535576401E+00 a       109     0     7     1    13
 -6.1289570439353824E-01 a       110     0     7     1    14
  2.5924639112928181E+00 a       111     0     7     1    15
 -2.0626554306424514E+00 a       112     0     7     1    16
  1.4369086518733103E+00 a       113     0     8     1     1
 -8.5112963919460438E-01 a       114     0     8     1     2
 -2.4789210394785584E+00 a       115     0     8     1     3
 -2.8258654797664930E+00 a       116     0     8     1     4
 -1.7976387265227995E+00 a       117     0     8     1     5
 -1.6688932298010486E+00 a       118     0     8     1     6
  1.9119460331500384E+00 a       119     0     8     1     7
 -4.5242029619005324E+00 a       120     0     8     1     8
  7.6463564278496821E-01 a       121     0     8     1     9
 -2.7699172422999250E+00 a       122     0     8     1    10
  6.9231376012311534E+00 a       123     0     8     1    11
  6.3446028671977950E-01 a       124     0     8     1    12
  5.0253603223506076E+00 a       125     0     8     1    13
 -3.2360729717354322E+00 a       126     0     8     1    14
  3.7390206591512736E+00 a       127     0     8     1    15
 -6.4435036171844500E+00 a       128     0     8     1    16
 -1.3864257974227949E+00 a       129     0     9     1     1
 -7.0509503083339264E-01 a       130     0     9     1     2
  8.9402845701609535E-01 a       131     0     9     1     3
 -2.2621316764942008E+00 a       132     0     9     1     4
 -1.3811802032355185E+00 a       133     0     9     1     5
  1.6974675894656153E+00 a       134     0     9     1     6
  8.6593899514782813E-01 a       135     0     9     1     7
  7.6773595011492268E-01 a       136     0     9     1     8
 -7.8536044914023412E-02 a       137     0     9     1     9
 -2.2922069655758320E-01 a       138     0     9     1    10
 -9.6413580232118948E-02 a       139     0     9     1    11
 -2.1111849776951215E+00 a       140     0     9     1    12
 -2.6969924143314655E-01 a       141     0     9     1    13
 -8.7548693760469687E-01 a       142     0     9     1    14
 -4.3454130304116911E-01 a       143     0     9     1    15
 -7.2465138122725992E-01 a       144     0     9     1    16
  8.0985494793626209E+00 a       145     0    10     1     1
  9.8907905589259426E-01 a       146     0    10     1     2
  1.3005967090592672E+00 a       147     0    10     1     3
  7.9942058726272993E+00 a       148     0    10     1     4
  5.1230132692300954E+00 a       149     0    10     1     5
 -2.2748138216247180E+00 a       150     0    10     1     6
  7.3338986045963281E+00 a       151     0    10     1     7
 -1.8576775687339167E+00 a       152     0    10     1     8
  4.3577921872833398E+00 a       153     0    10     1     9
  3.2023267080118334E+00 a       154     0    10     1    10
  9.5254112027325544E+00 a       155     0    10     1    11
  6.1187215625909062E+00 a       156     0    10     1    12
 -1.9708156610833185E+00 a       157     0    10     1    13
 -1.7998866686415897E+00 a       158     0    10     1    14
  5.0785753902760911E-01 a       159     0    10     1    15
  6.9879640219802814E+00 a       160     0    10     1    16
 -2.8105596654966463E+00 a       161     0    11     1     1
  4.2680900381413602E+00 a       162     0    11     1     2
  1.5709766936342929E+01 a       163     0    11     1     3
  7.6336190840464297E+00 a       164     0    11     1     4
  4.5836483690737779E+00 a       165     0    11     1     5
 -2.6799778529373994E+00 a       166     0    11     1     6
  6.7119488386526738E-01 a       167     0    11     1     7
  1.8347080038616128E+00 a       168     0    11     1     8
  5.3186737362673888E+00 a       169     0    11     1     9
 -1.0109428098506803E+00 a       170     0    11     1    10
  1.6254523735789459E+00 a       171     0    11     1    11
 -1.6719962002480104E+00 a       172     0    11     1    12
 -1.4384352164758964E+00 a       173     0    11     1    13
  1.0287940690667289E+01 a       174     0    11     1    14
  6.8582083257887738E-01 a       175     0    11     1    15
 -3.9354146678892641E+00 a       176     0    11     1    16
  1.2223544067773371E+01 a       177     0    12     1     1
  5.9051783777492908E+00 a       178     0    12     1     2
  4.1669799117280411E+00 a       179     0    12     1     3
 -2.7584160828561846E+00 a       180     0    12     1     4
  3.9003057909448064E+00 a       181     0    12     1     5
  8.2677790712348553E+00 a       182     0    12     1     6
 -1.4861672454433468E+00 a       183     0    12     1     7
 -2.5683993612122262E+00 a       184     0    12     1     8
 -5.5664688584853819E+00 a       185     0    12     1     9
 -3.2224413715120690E+00 a       186     0    12     1    10
  6.6466007902843804E+00 a       187     0    12     1    11
  3.8607769901037092E+00 a       188     0    12     1    12
 -6.2926996135070139E+00 a       189     0    12     1    13
 -2.0630602053081666E+00 a       190     0    12     1    14
  1.0104371715401236E+01 a       191     0    12     1    15
 -4.8051495676582849E+00 a       192     0    12     1    16
 -1.2305962780088267E+01 a       193     0    13     1     1
 -7.9831532658038666E+00 a       194     0    13     1     2
 -2.1814340822550911E+00 a       195     0    13     1     3
  3.2198874584119270E+00 a       196     0    13     1     4
  1.3482804199740222E+01 a       197     0    13     1     5
  2.4008284787360972E+00 a       198     0    13     1     6
 -5.0385286943502843E+00 a       199     0    13     1     7
  6.1982849653769345E-01 a       200     0    13     1     8
  1.0486108119203237E+01 a       201     0    13     1     9
  5.4797633797047829E-01 a       202     0    13     1    10
  1.0560295206863199E+00 a       203     0    13     1    11
  6.7844945431025643E+00 a       204     0    13     1    12
 -7.8822268190554121E+00 a       205     0    13     1    13
 -5.5234922011349070E+00 a       206     0    13     1    14
 -8.2075253995879969E+00 a       207     0    13     1    15
 -1.6666729369552101E+01 a       208     0    13     1    16
  1.0634148725770777E+01 a       209     0    14     1     1
 -5.7684748696659751E+00 a       210     0    14     1     2
  4.0609249586603613E-01 a       211     0    14     1     3
 -8.4389498385155655E+00 a       212     0    14     1     4
  9.2157082499639849E+00 a       213     0    14     1     5
  6.5883255458851329E+00 a       214     0    14     1     6
 -2.1288528702036782E+00 a       215     0    14     1     7
 -2.0762352542419073E-02 a       216     0    14     1     8
 -5.5742211955493204E+00 a       217     0    14     1     9
 -1.5837963496798035E+00 a       218     0    14     1    10
  1.8342411589583139E+00 a       219     0    14     1    11
  2.1064970252976578E+00 a       220     0    14     1    12
  7.6760048962200305E+00 a       221     0    14     1    13
  2.4711336160783057E+00 a       222     0    14     1    14
  6.0321834833706323E+00 a       223     0    14     1    15
 -1.4699405789114026E+00 a       224     0    14     1    16
  2.7617524575471544E+00 a       225     0    15     1     1
  7.5068340424415525E-01 a       226     0    15     1     2
 -9.4511728454079940E+00 a       227     0    15     1     3
 -1.3994955918021487E+01 a       228     0    15     1     4
  9.3203810967448284E+00 a       229     0    15     1     5
  1.1640101671814808E+01 a       230     0    15     1     6
  3.9294933564006387E+00 a       231     0    15     1     7
  5.2252355847180265E+00 a       232     0    15     1     8
  1.0480832097337021E+00 a       233     0    15     1     9
 -4.3325830387279414E+00 a       234     0    15     1    10
  4.6088137312080590E+00 a       235     0    15     1    11
  8.1173276001394274E+00 a       236     0    15     1    12
  6.3510557398801196E-02 a       237     0    15     1    13
  2.8667915711582137E+00 a       238     0    15     1    14
 -1.2177407357703167E+01 a       239     0    15     1    15
 -1.0758797863770089E+00 a       240     0    15     1    16
 -4.1819862869632924E+00 a       241     0    16     1     1
  6.6269966135744491E+00 a       242     0    16     1     2
 -9.1851205341714586E+00 a       243     0    16     1     3
 -4.4091144286233348E+00 a       244     0    16     1     4
 -4.6491798272912934E+00 a       245     0    16     1     5
 -6.3207156271348026E+00 a       246     0    16     1     6
  3.2104531000344823E+00 a       247     0    16     1     7
  1.8591178005048642E-01 a       248     0    16     1     8
 -1.1362808037885278E+01 a       249     0    16     1     9
 -5.7493616490868931E+00 a       250     0    16     1    10
 -4.6593724387034454E+00 a       251     0    16     1    11
  3.7569438980953351E+00 a       252     0    16     1    12
 -6.2779144106433487E+00 a       253     0    16     1    13
 -5.9138386883505065E+00 a       254     0    16     1    14
 -7.4034889742912799E+00 a       255     0    16     1    15
  7.4251106251899994E+00 a       256     0    16     1    16
 -6.1372964414289666E-01 a       257     0    17     1     1
  4.9528993951866096E-01 a       258     0    17     1     2
  1.0391456912083048E+00 a       259     0    17     1     3
 -7.7774199736455323E+00 a       260     0    17     1     4
 -1.0790583681937453E+00 a       261     0    17     1     5
  5.7100372737727794E+00 a       262     0    17     1     6
 -2.6043183578399245E+00 a       263     0    17     1     7
  1.1174228252778688E+00 a       264     0    17     1     8
  3.9573982222270943E-01 a       265     0    17     1     9
 -1.0014992534090512E-01 a       266     0    17     1    10
 -3.7852643375923656E-01 a       267     0    17     1    11
 -1.2717929881591241E+00 a       268     0    17     1    12
  3.8313164890436813E-01 a       269     0    17     1    13
 -2.3554244603417001E+00 a       270     0    17     1    14
 -3.9992592256852846E+00 a       271     0    17     1    15
  2.0536017126013095E+00 a       272     0    17     1    16
 -1.7377259383850006E-02 a       273     0    18     1     1
 -1.1787185438899143E-01 a       274     0    18     1     2
 -4.2209528477149032E+00 a       275     0    18     1     3
  1.6184595607222774E+00 a       276     0    18     1     4
 -1.2999678138662689E+00 a       277     0    18     1     5
 -1.5234903398425437E-01 a       278     0    18     1     6
 -1.4820938265638643E+00 a       279     0    18     1     7
 -3.8022488251481323E-01 a       280     0    18     1     8
 -5.0063286977838306E-01 a       281     0    18     1     9
  9.6411633836251592E-02 a       282     0    18     1    10
 -1.7069720907504216E+00 a       283     0    18     1    11
  3.6115202698169102E+00 a       284     0    18     1    12
 -6.6120865470571815E+00 a       285     0    18     1    13
 -4.5063206509323637E+00 a       286     0    18     1    14
 -1.1030086004678270E+00 a       287     0    18     1    15
  5.4789418006232458E+00 a       288     0    18     1    16
 -9.5656745461583412E+00 a       289     0    19     1     1
  3.5704907210054322E+00 a       290     0    19     1     2
 -8.4524945278587289E+00 a       291     0    19     1     3
 -1.8078028915995055E+00 a       292     0    19     1     4
  1.4410095565969954E+00 a       293     0    19     1     5
  3.5469818513692712E+00 a       294     0    19     1     6
  3.4573578057442839E-01 a       295     0    19     1     7
  1.5554763260335576E+00 a       296     0    19     1     8
  4.6054238345847787E-01 a       297     0    19     1     9
  8.3084251722256148E+00 a       298     0    19     1    10
 -6.3559506986952412E+00 a       299     0    19     1    11
 -6.3086594140508971E+00 a       300     0    19     1    12
 -1.0897112614480349E+00 a       301     0    19     1    13
 -6.5498430728806909E+00 a       302     0    19     1    14
 -2.8651359597586294E+00 a       303     0    19     1    15
  2.3599671062192358E+00 a       304     0    19     1    16
 -9.2954878590260641E+00 a       305     0    20     1     1
 -1.1714285252798224E+01 a       306     0    20     1     2
 -1.3310990722224947E+00 a       307     0    20     1     3
  5.8089474343538843E+00 a       308     0    20     1     4
  1.5860803530790148E+00 a       309     0    20     1     5
 -5.6971326146387957E+00 a       310     0    20     1     6
 -4.7511326738108943E+00 a       311     0    20     1     7
  3.0945694730890230E+00 a       312     0    20     1     8
  6.5128708004515339E+00 a       313     0    20     1     9
  3.8074043970726219E+00 a       314     0    20     1    10
 -1.4634107846066836E+01 a       315     0    20     1    11
  4.3025166311836944E+00 a       316     0    20     1    12
 -7.5045742883459958E+00 a       317     0    20     1    13
  5.7702774436826330E+00 a       318     0    20     1    14
  3.8561777596044133E+00 a       319     0    20     1    15
 -1.5468614163190976E+01 a       320     0    20     1    16
  7.0677609155200072E+00 a       321     0    21     1     1
 -1.4752532857708152E+01 a       322     0    21     1     2
 -3.6686594218738851E+00 a       323     0    21     1     3
 -2.1681646097081315E+00 a       324     0    21     1     4
 -1.1854542417677225E+00 a       325     0    21     1     5
  3.7011905840342463E+00 a       326     0    21     1     6
  2.7696629283932572E+00 a       327     0    21     1     7
  3.4426624010651645E+00 a       328     0    21     1     8
 -6.4409354214060499E-01 a       329     0    21     1     9
  1.4024557616680746E+00 a       330     0    21     1    10
 -9.3985971308992022E-01 a       331     0    21     1    11
  2.3068923093206766E+00 a       332     0    21     1    12
  8.9482672577239093E+00 a       333     0    21     1    13
  5.3883289522344713E+00 a       334     0    21     1    14
  5.9217309709459398E+00 a       335     0    21     1    15
  6.3588176298395487E+00 a       336     0    21     1    16
  4.7772002671311560E+00 a       337     0    22     1     1
 -2.4782448360224684E+01 a       338     0    22     1     2
 -9.0181484480125338E+00 a       339     0    22     1     3
  3.4247055881633517E+00 a       340     0    22     1     4
 -2.4442081466322239E+01 a       341     0    22     1     5
  5.7684222634035609E-01 a       342     0    22     1     6
 -2.1086040846329968E+00 a       343     0    22     1     7
 -3.3609815892229422E+00 a       344     0    22     1     8
 -1.0494836480645402E+00 a       345     0    22     1     9
 -3.4432718216422296E+00 a       346     0    22     1    10
  6.1742428138578931E-01 a       347     0    22     1    11
  9.6771509074051583E+00 a       348     0    22     1    12
  6.3487716556500473E+00 a       349     0    22     1    13
  2.3693858769100448E-01 a       350     0    22     1    14
 -8.2765029242698489E+00 a       351     0    22     1    15
  2.0152483702933335E+00 a       352     0    22     1    16
 -2.3688974943940950E+00 a       353     0    23     1     1
  2.1477943851140644E+01 a       354     0    23     1     2
  1.7376641985523666E+01 a       355     0    23     1     3
  1.3925652495683101E+01 a       356     0    23     1     4
 -1.7046358342995487E+00 a       357     0    23     1     5
 -4.4828927253084503E+00 a       358     0    23     1     6
 -3.0484670966446803E+00 a       359     0    23     1     7
  1.0165197100473438E+00 a       360     0    23     1     8
  1.1317810989134102E+01 a       361     0    23     1     9
 -5.4814913055618995E+00 a       362     0    23     1    10
  1.1504165411662440E+01 a       363     0    23     1    11
  2.6401583700299285E+00 a       364     0    23     1    12
 -1.8462800459934623E+01 a       365     0    23     1    13
 -6.4209217395002423E+00 a       366     0    23     1    14
  7.6288636549744160E-01 a       367     0    23     1    15
  8.2093000704223695E-01 a       368     0    23     1    16
  1.9860864914065392E+01 a       369     0    24     1     1
  9.2597038422109446E+00 a       370     0    24     1     2
  1.6932890128976459E+00 a       371     0    24     1     3
  9.0390842597269039E+00 a       372     0    24     1     4
 -1.4239573286581816E+01 a       373     0    24     1     5
 -3.6337461090054433E+00 a       374     0    24     1     6
  3.4798895104823186E+00 a       375     0    24     1     7
 -8.7150037779268352E+00 a       376     0    24     1     8
 -1.1554003156691397E+01 a       377     0    24     1     9
  2.1687011566258549E+00 a       378     0    24     1    10
  6.8159455764926120E+00 a       379     0    24     1    11
 -1.4511073251718289E+01 a       380     0    24     1    12
  1.1341624473126556E+01 a       381     0    24     1    13
 -7.8636471854628776E-01 a       382     0    24     1    14
  2.0436413184566149E+01 a       383     0    24     1    15
  2.2962376995726064E+01 a       384     0    24     1    16
  8.6759981628353156E-01 a       385     0    25     1     1
  1.2586936219454725E+00 a       386     0    25     1     2
  8.2646521108335023E+00 a       387     0    25     1     3
  2.4201906935379527E+00 a       388     0    25     1     4
  6.0083276869557913E+00 a       389     0    25     1     5
  8.4021000785146622E+00 a       390     0    25     1     6
 -9.3187350902241857E+00 a       391     0    25     1     7
 -1.8448151434841200E+00 a       392     0    25     1     8
  7.7749602728521001E+00 a       393     0    25     1     9
  1.9978916228864205E+00 a       394     0    25     1    10
  4.2330889985840958E+00 a       395     0    25     1    11
 -3.7802737350372357E+00 a       396     0    25     1    12
  5.6465219343614885E+00 a       397     0    25     1    13
 -1.1204297358657525E+00 a       398     0    25     1    14
  3.2788782328970965E+00 a       399     0    25     1    15
 -8.9765739673251872E+00 a       400     0    25     1    16
  3.0060266995883258E+00 a       401     0    26     1     1
  1.6379554818118822E+00 a       402     0    26     1     2
  1.1481114336657328E+00 a       403     0    26     1     3
 -4.8282619602909680E+00 a       404     0    26     1     4
 -2.5715762897349439E+00 a       405     0    26     1     5
  2.0544032074872393E-01 a       406     0    26     1     6
  2.0089520413671593E+00 a       407     0    26     1     7
 -1.2813349564084484E+00 a       408     0    26     1     8
  1.9345302224326639E+00 a       409     0    26     1     9
 -1.8927529632983295E+00 a       410     0    26     1    10
  1.3220242361211629E+00 a       411     0    26     1    11
  9.9663519313264548E-01 a       412     0    26     1    12
 -2.7767202815941450E-01 a       413     0    26     1    13
 -4.0835827520627417E+00 a       414     0    26     1    14
 -3.3929043489302408E+00 a       415     0    26     1    15
 -3.2212045722061800E-01 a       416     0    26     1    16
  2.1635722749864428E+00 a       417     0    27     1     1
  2.1079708243409039E+00 a       418     0    27     1     2
 -5.6373182326908999E-01 a       419     0    27     1     3
  1.4526660533089455E+00 a       420     0    27     1     4
 -2.3310114183062240E+00 a       421     0    27     1     5
 -1.9202212694689937E+00 a       422     0    27     1     6
  1.3420628180470160E+00 a       423     0    27     1     7
 -7.4117912690959450E-02 a       424     0    27     1     8
  1.8583832797797144E+00 a       425     0    27     1     9
  4.7399684940465825E-01 a       426     0    27     1    10
 -3.8694568617339624E+00 a       427     0    27     1    11
  4.2878168220516155E+00 a       428     0    27     1    12
 -3.4179804621603571E+00 a       429     0    27     1    13
 -7.0610143428564642E-01 a       430     0    27     1    14
 -8.3834629675548089E-01 a       431     0    27     1    15
 -1.5753095959140884E+00 a       432     0    27     1    16
 -3.0714725044650892E+00 a       433     0    28     1     1
  1.8131393648827461E+00 a       434     0    28     1     2
 -9.2615568514757669E+00 a       435     0    28     1     3
 -7.7242279656792912E+00 a       436     0    28     1     4
  1.4997522413920166E+00 a       437     0    28     1     5
  1.4051687736000769E+00 a       438     0    28     1     6
  6.5796244777746917E+00 a       439     0    28     1     7
 -1.4273399607876933E+00 a       440     0    28     1     8
  2.4097611567936125E-01 a       441     0    28     1     9
  6.5665517513226774E+00 a       442     0    28     1    10
 -9.7137369336600212E+00 a       443     0    28     1    11
 -4.2149930786349072E+00 a       444     0    28     1    12
  2.1128391681719707E+00 a       445     0    28     1    13
 -5.2506455110864736E-01 a       446     0    28     1    14
 -4.3269239049345849E+00 a       447     0    28     1    15
 -8.4004723640588241E-01 a       448     0    28     1    16
 -2.8115760307529825E+00 a       449     0    29     1     1
 -6.9197114532975390E-02 a       450     0    29     1     2
 -1.0289300858629187E+00 a       451     0    29     1     3
  3.2429505528705316E+00 a       452     0    29     1     4
  3.7625330921073976E+00 a       453     0    29     1     5
 -3.9390882662993572E-02 a       454     0    29     1     6
  1.0924109084793256E-01 a       455     0    29     1     7
  1.4461396583895150E+00 a       456     0    29     1     8
 -1.2513315346394022E-01 a       457     0    29     1     9
  4.2763394108793396E+00 a       458     0    29     1    10
  1.5947621537187018E+00 a       459     0    29     1    11
  1.7281012054129612E+00 a       460     0    29     1    12
  5.2708074497700402E-02 a       461     0    29     1    13
  6.0217938941628963E+00 a       462     0    29     1    14
 -8.9404250482761638E-01 a       463     0    29     1    15
 -8.3196590327275566E-01 a       464     0    29     1    16
 -2.7854959412951534E+00 a       465     0    30     1     1
  1.7274126370871252E+00 a       466     0    30     1     2
  1.3171676568019473E+00 a       467     0    30     1     3
 -2.0714348267192704E+00 a       468     0    30     1     4
  1.5857125228994737E+00 a       469     0    30     1     5
 -1.0853845999775598E+00 a       470     0    30     1     6
  3.6335470299216577E+00 a       471     0    30     1     7
 -7.3660121346948282E-01 a       472     0    30     1     8
 -9.0513629627049663E-01 a       473     0    30     1     9
  1.6373133815331058E+00 a       474     0    30     1    10
  2.4528816051547540E+00 a       475     0    30     1    11
 -7.0275530309855565E+00 a       476     0    30     1    12
  3.3740503145881906E+00 a       477     0    30     1    13
  4.4830759312509585E+00 a       478     0    30     1    14
 -1.3910659353004420E+00 a       479     0    30     1    15
 -6.8304632644575303E-01 a       480     0    30     1    16
  8.1592821297259590E+00 a       481     0    31     1     1
 -1.1344185838023762E+01 a       482     0    31     1     2
  5.4456514596391727E+00 a       483     0    31     1     3
  1.9696762350108645E+00 a       484     0    31     1     4
  3.2087935716637004E+00 a       485     0    31     1     5
 -2.7440887403328649E+00 a       486     0    31     1     6
 -9.5229627533726913E-01 a       487     0    31     1     7
 -2.6840879521094602E-01 a       488     0    31     1     8
 -3.8965499966927957E+00 a       489     0    31     1     9
 -5.8545972162224436E+00 a       490     0    31     1    10
  5.6909510998934767E+00 a       491     0    31     1    11
  2.5624505717765147E+00 a       492     0    31     1    12
  8.2916060939450045E+00 a       493     0    31     1    13
  1.0752028998235270E+01 a       494     0    31     1    14
  7.0941478409913916E+00 a       495     0    31     1    15
 -2.6171087212235133E+00 a       496     0    31     1    16
 -6.5286530433031507E+00 a       497     0    32     1     1
  6.4372046532568783E+00 a       498     0    32     1     2
  1.0434719319898994E+01 a       499     0    32     1     3
  1.2826754201792174E+00 a       500     0    32     1     4
 -1.2830215929823069E+01 a       501     0    32     1     5
 -9.2170671928109105E+00 a       502     0    32     1     6
 -1.8830833440469468E+00 a       503     0    32     1     7
  6.8979909592171862E-01 a       504     0    32     1     8
 -9.8355841172207406E+00 a       505     0    32     1     9
 -3.2135878177861223E+00 a       506     0    32     1    10
 -1.0621864590457108E+01 a       507     0    32     1    11
 -8.3934217561134581E+00 a       508     0    32     1    12
  4.1108750337315261E+00 a       509     0    32     1    13
  2.6513444279384641E+00 a       510     0    32     1    14
  3.1836638865473366E+00 a       511     0    32     1    15
  5.0559729848041828E+00 a       512     0    32     1    16
 -1.3892600670977497E+01 a       513     0    33     1     1
  7.4125996676751962E+00 a       514     0    33     1     2
  1.0359359174507436E+00 a       515     0    33     1     3
  1.7037812871953864E+00 a       516     0    33     1     4
  4.7729915927658713E+00 a       517     0    33     1     5
 -9.6861006387283268E+00 a       518     0    33     1     6
  8.8893833493778951E-01 a       519     0    33     1     7
  3.7557083997396159E+00 a       520     0    33     1     8
  1.2135804532159742E+00 a       521     0    33     1     9
  2.7378724190379642E+00 a       522     0    33     1    10
 -7.7126165863846667E+00 a       523     0    33     1    11
 -6.1046861185109451E+00 a       524     0    33     1    12
  6.3713574825808539E-01 a       525     0    33     1    13
  4.0889813267672279E+00 a       526     0    33     1    14
 -5.3703619741772810E+00 a       527     0    33     1    15
  3.4628049085667221E+00 a       528     0    33     1    16
 -1.5938423650084381E+00 a       529     0    34     1     1
  1.2308424469278656E+00 a       530     0    34     1     2
 -1.0003881998996331E+00 a       531     0    34     1     3
  2.5524463392364010E+00 a       532     0    34     1     4
 -7.5968870744252570E-01 a       533     0    34     1     5
 -2.3474447366910842E-01 a       534     0    34     1     6
  3.9938920411759109E+00 a       535     0    34     1     7
  2.0140145817945143E+00 a       536     0    34     1     8
 -7.2867725600227806E-01 a       537     0    34     1     9
 -1.9937378338924566E-01 a       538     0    34     1    10
 -8.0980298765086800E-01 a       539     0    34     1    11
  2.3191827073599836E-01 a       540     0    34     1    12
 -5.3337644085333380E-01 a       541     0    34     1    13
  1.4317378457964258E+00 a       542     0    34     1    14
 -5.0449433031058233E-01 a       543     0    34     1    15
  1.7824617008011145E-01 a       544     0    34     1    16
 -2.1707686922311661E-01 a       545     0    35     1     1
 -1.0764901832977951E+00 a       546     0    35     1     2
  1.0549603400950451E+00 a       547     0    35     1     3
  2.9803223616807173E-01 a       548     0    35     1     4
  8.2269763354417225E-01 a       549     0    35     1     5
  4.7492855556110480E-01 a       550     0    35     1     6
 -1.4301244125143733E+00 a       551     0    35     1     7
 -7.6581844023818180E-01 a       552     0    35     1     8
  1.6018626504401534E-01 a       553     0    35     1     9
 -2.3163218246852019E-01 a       554     0    35     1    10
  1.9402915569768766E+00 a       555     0    35     1    11
 -7.9950573954954951E-01 a       556     0    35     1    12
 -2.2694909406317354E-01 a       557     0    35     1    13
  1.5062125426464537E+00 a       558     0    35     1    14
  4.6002204876052644E-01 a       559     0    35     1    15
  9.6261842043903800E-01 a       560     0    35     1    16
 -2.6024641190207007E+00 a       561     0    36     1     1
  1.3181715722992482E+00 a       562     0    36     1     2
  4.5451804588647454E-01 a       563     0    36     1     3
 -6.4341984224332593E-01 a       564     0    36     1     4
 -8.2127780509581194E-01 a       565     0    36     1     5
 -3.1684386603778845E+00 a       566     0    36     1     6
  5.2599999380488178E+00 a       567     0    36     1     7
  6.5018090733168599E-01 a       568     0    36     1     8
 -1.4147233010899929E+00 a       569     0    36     1     9
  2.3900889269251979E+00 a       570     0    36     1    10
  2.2947338341557559E+00 a       571     0    36     1    11
  3.0440652578830592E+00 a       572     0    36     1    12
  1.4358473219264549E+00 a       573     0    36     1    13
 -2.5397469920823557E-01 a       574     0    36     1    14
 -9.5830525063936034E-01 a       575     0    36     1    15
  2.8031850792926081E+00 a       576     0    36     1    16
 -3.3687102207004482E+00 a       577     0    37     1     1
 -4.7520647844590069E-01 a       578     0    37     1     2
  6.2782034769693087E-02 a       579     0    37     1     3
  3.4523939612812371E+00 a       580     0    37     1     4
  1.0419279424261934E+00 a       581     0    37     1     5
 -6.3813232800265220E+00 a       582     0    37     1     6
 -8.2432927156239746E+00 a       583     0    37     1     7
 -1.8467954887998363E+00 a       584     0    37     1     8
 -3.0634071635022866E+00 a       585     0    37     1     9
 -5.8311317768360986E+00 a       586     0    37     1    10
  1.9476492115037582E+00 a       587     0    37     1    11
 -2.7452788521987226E+00 a       588     0    37     1    12
  3.1945727883333924E-01 a       589     0    37     1    13
 -3.9962846745002722E+00 a       590     0    37     1    14
  7.7445087387648677E+00 a       591     0    37     1    15
 -5.1076062088029894E-01 a       592     0    37     1    16
 -2.1827857316373769E-01 a       593     0    38     1     1
  4.1910186126560095E-01 a       594     0    38     1     2
 -1.6388463653543619E+00 a       595     0    38     1     3
  2.6370716955152147E-02 a       596     0    38     1     4
 -1.1563898725914703E+00 a       597     0    38     1     5
 -3.2055008790894362E+00 a       598     0    38     1     6
  1.0521617735841504E+00 a       599     0    38     1     7
 -5.0609327675281002E-01 a       600     0    38     1     8
 -1.1526520477757538E+00 a       601     0    38     1     9
  3.3975201092945766E+00 a       602     0    38     1    10
  1.2362477968006349E+00 a       603     0    38     1    11
  2.6364683157019986E-01 a       604     0    38     1    12
 -2.7034574116800808E-01 a       605     0    38     1    13
 -3.9006962175918307E+00 a       606     0    38     1    14
  2.2949982700806268E-01 a       607     0    38     1    15
 -1.0293908898189386E+00 a       608     0    38     1    16
 -5.7800897790551486E+00 a       609     0    39     1     1
  1.6835607562186201E+00 a       610     0    39     1     2
  4.7021570462552802E+00 a       611     0    39     1     3
  3.8201244800043992E+00 a       612     0    39     1     4
  6.6180615775470064E-01 a       613     0    39     1     5
 -4.4934746612244432E+00 a       614     0    39     1     6
  3.8686883670267878E+00 a       615     0    39     1     7
  1.2033069897390343E+01 a       616     0    39     1     8
 -1.0908231271057243E+01 a       617     0    39     1     9
 -6.4435753659418005E+00 a       618     0    39     1    10
 -7.7268147137327521E+00 a       619     0    39     1    11
  3.2519808301995687E+00 a       620     0    39     1    12
  6.6271530213214911E+00 a       621     0    39     1    13
  6.6903649713897213E+00 a       622     0    39     1    14
 -1.5491301378798863E+00 a       623     0    39     1    15
  1.6977652338683946E+00 a       624     0    39     1    16
 -2.7053966404213270E+00 a       625     0    40     1     1
  6.5108190253002372E+00 a       626     0    40     1     2
 -4.1134522029771459E+00 a       627     0    40     1     3
  2.9823774098173333E-01 a       628     0    40     1     4
 -2.6235755616373426E+00 a       629     0    40     1     5
 -1.5802442776244691E+01 a       630     0    40     1     6
  7.6742688075805905E+00 a       631     0    40     1     7
  2.4635206168267261E+00 a       632     0    40     1     8
 -6.9032261868446518E+00 a       633     0    40     1     9
 -4.6824177872422998E+00 a       634     0    40     1    10
 -1.1737684415425258E+00 a       635     0    40     1    11
 -2.3857153045999659E+00 a       636     0    40     1    12
  4.2917113637158657E+00 a       637     0    40     1    13
  5.7110135185799908E+00 a       638     0    40     1    14
 -1.4029966401530578E+00 a       639     0    40     1    15
 -5.1759885609038863E+00 a       640     0    40     1    16
 -3.2956105640880891E+00 a       641     0    41     1     1
  1.2132393805915895E+00 a       642     0    41     1     2
  1.3573097333550967E+00 a       643     0    41     1     3
 -1.4318379697369743E+00 a       644     0    41     1     4
  3.2583312757337141E-01 a       645     0    41     1     5
 -1.5658835452303164E+00 a       646     0    41     1     6
  6.3989141540412486E-01 a       647     0    41     1     7
  2.0893362950519783E+00 a       648     0    41     1     8
 -2.3350651395146054E+00 a       649     0    41     1     9
 -3.2338831828778463E+00 a       650     0    41     1    10
 -2.1011195746983007E+00 a       651     0    41     1    11
 -3.5869750152832265E+00 a       652     0    41     1    12
  1.8845757060426465E+00 a       653     0    41     1    13
  3.5539535919180745E+00 a       654     0    41     1    14
 -1.0488249678664470E+00 a       655     0    41     1    15
 -4.0256867615962078E-01 a       656     0    41     1    16
 -4.9043103185521186E+00 a       657     0    42     1     1
  5.6851441335219519E+00 a       658     0    42     1     2
  8.5721070199116345E-01 a       659     0    42     1     3
 -8.8114448115092951E+00 a       660     0    42     1     4
 -8.0303924370536208E+00 a       661     0    42     1     5
 -1.6954946314058436E+01 a       662     0    42     1     6
  1.0069881531012017E+01 a       663     0    42     1     7
  8.5291199404303564E-01 a       664     0    42     1     8
  3.5140140634884984E+00 a       665     0    42     1     9
 -7.1855030603971892E+00 a       666     0    42     1    10
 -3.8274602670533144E+00 a       667     0    42     1    11
 -4.7369069925609111E+00 a       668     0    42     1    12
  5.0732528139203081E+00 a       669     0    42     1    13
 -1.2867311516254392E+00 a       670     0    42     1    14
 -8.9350605418522466E+00 a       671     0    42     1    15
  2.2581648959217464E+00 a       672     0    42     1    16
  2.2452412566267488E+00 a       673     0    43     1     1
  3.0806396328614207E+00 a       674     0    43     1     2
 -4.6282598636198555E+00 a       675     0    43     1     3
 -4.8516111113737370E+00 a       676     0    43     1     4
 -1.3076796579911276E+00 a       677     0    43     1     5
  1.3939878385624796E+01 a       678     0    43     1     6
  3.9066367280039298E+00 a       679     0    43     1     7
  5.7895376983140014E+00 a       680     0    43     1     8
 -1.6746929258254248E-01 a       681     0    43     1     9
  1.7358995724750770E+00 a       682     0    43     1    10
  4.6525297465662439E+00 a       683     0    43     1    11
  2.5623827556199181E+00 a       684     0    43     1    12
  4.7112396863577706E+00 a       685     0    43     1    13
  4.5019703123831665E+00 a       686     0    43     1    14
 -8.9783238844122071E+00 a       687     0    43     1    15
 -3.6321306390078623E+00 a       688     0    43     1    16
  7.4584135788437478E-01 a       689     0    44     1     1
 -8.3156997803021271E-01 a       690     0    44     1     2
  6.3185743132208616E-01 a       691     0    44     1     3
  1.0398541189188255E+00 a       692     0    44     1     4
  8.2512768429269490E-01 a       693     0    44     1     5
  6.3033225405421445E-01 a       694     0    44     1     6
  2.2284856727249340E+00 a       695     0    44     1     7
  1.3192254861800969E+00 a       696     0    44     1     8
  1.2557772251837358E+00 a       697     0    44     1     9
 -1.5856190032243388E+01 a       698     0    44     1    10
 -2.5002438481896219E+00 a       699     0    44     1    11
  4.2427457338992047E+00 a       700     0    44     1    12
 -1.0965342192427436E+00 a       701     0    44     1    13
  4.6505495833755752E+00 a       702     0    44     1    14
  7.1771146432529087E-01 a       703     0    44     1    15
  2.4460423217334293E-01 a       704     0    44     1    16
  3.7519944006677091E+00 a       705     0    45     1     1
  4.0559578255697346E+00 a       706     0    45     1     2
 -8.6515241673458085E+00 a       707     0    45     1     3
  4.9879109534981829E+00 a       708     0    45     1     4
 -6.2065999113272818E+00 a       709     0    45     1     5
  3.2686788350667730E+00 a       710     0    45     1     6
  5.5011483030491135E+00 a       711     0    45     1     7
 -5.1872864454393586E+00 a       712     0    45     1     8
  1.4141313492975314E+01 a       713     0    45     1     9
  1.7238629576509774E+00 a       714     0    45     1    10
  4.4848680373560441E+00 a       715     0    45     1    11
  7.0154869326731550E-01 a       716     0    45     1    12
 -5.4342980484883059E+00 a       717     0    45     1    13
 -8.1793234768346288E+00 a       718     0    45     1    14
  9.4007834670328405E-01 a       719     0    45     1    15
 -2.3693796067209609E+00 a       720     0    45     1    16
  6.2394815809899313E+00 a       721     0    46     1     1
 -1.2272644603560366E+01 a       722     0    46     1     2
  6.3782573219019021E+00 a       723     0    46     1     3
 -5.9570447089399190E+00 a       724     0    46     1     4
  6.1991887098124119E+00 a       725     0    46     1     5
  1.2864248532805743E+01 a       726     0    46     1     6
 -7.4070084899885413E-01 a       727     0    46     1     7
 -1.5696723646770491E-01 a       728     0    46     1     8
  8.9001943068683822E+00 a       729     0    46     1     9
  6.1114961933815968E+00 a       730     0    46     1    10
 -4.4009433744033908E+00 a       731     0    46     1    11
  1.0250703294273141E+01 a       732     0    46     1    12
 -5.2414330553336645E+00 a       733     0    46     1    13
 -1.2238724630493218E+01 a       734     0    46     1    14
  7.3515984320162548E+00 a       735     0    46     1    15
  9.3382068242953020E-01 a       736     0    46     1    16
  8.1109257735481251E+00 a       737     0    47     1     1
 -2.6809825486475636E+00 a       738     0    47     1     2
 -3.5658688381500152E+00 a       739     0    47     1     3
  3.2233102185172902E+00 a       740     0    47     1     4
  1.9367170968391176E-01 a       741     0    47     1     5
 -2.7126596556072262E+00 a       742     0    47     1     6
  7.2858658231332969E+00 a       743     0    47     1     7
 -3.3069733868675204E+00 a       744     0    47     1     8
  6.9321190936477857E+00 a       745     0    47     1     9
 -2.4591908525192006E+00 a       746     0    47     1    10
 -9.9717128421555601E-01 a       747     0    47     1    11
  7.6154301142196319E+00 a       748     0    47     1    12
 -4.0056638921848942E+00 a       749     0    47     1    13
 -5.4989848171226425E+00 a       750     0    47     1    14
 -1.5625828903028807E-01 a       751     0    47     1    15
 -3.8657467630439277E+00 a       752     0    47     1    16
 -1.0351934209332155E+01 a       753     0    48     1     1
  2.7412396603556419E+00 a       754     0    48     1     2
 -1.4150414886684329E+01 a       755     0    48     1     3
  1.5424143462788862E+01 a       756     0    48     1     4
 -2.0480103011428752E+00 a       757     0    48     1     5
  1.4277128124439480E+01 a       758     0    48     1     6
  7.2289126036950502E-01 a       759     0    48     1     7
 -1.5327955612091444E+01 a       760     0    48     1     8
 -5.4085562238817966E+00 a       761     0    48     1     9
  5.9582412926728852E+00 a       762     0    48     1    10
 -1.8792172692796125E+00 a       763     0    48     1    11
 -2.3752696479705349E+00 a       764     0    48     1    12
 -7.0710878812516276E+00 a       765     0    48     1    13
 -2.1817195416945800E+00 a       766     0    48     1    14
  3.1815539841961487E+00 a       767     0    48     1    15
 -1.4639977960140737E+01 a       768     0    48     1    16
  8.5489208283152607E-01 a       769     0    49     1     1
  4.3673734255871939E-03 a       770     0    49     1     2
  8.2082257224687427E-02 a       771     0    49     1     3
 -2.6942464237974539E-01 a       772     0    49     1     4
 -4.3797635760766673E-01 a       773     0    49     1     5
 -3.6552768788705231E-01 a       774     0    49     1     6
  1.8192225419701546E+00 a       775     0    49     1     7
  3.0083379997507215E-01 a       776     0    49     1     8
 -5.3155717689770043E-01 a       777     0    49     1     9
  1.8340766800138049E+00 a       778     0    49     1    10
  7.7258184244766659E-01 a       779     0    49     1    11
  8.6399401346911620E-01 a       780     0    49     1    12
 -3.4147766288096965E-01 a       781     0    49     1    13
 -1.2598932804632488E+00 a       782     0    49     1    14
 -8.4167571722472412E-01 a       783     0    49     1    15
 -1.0541230359326210E+00 a       784     0    49     1    16
  3.6229969373045340E-01 a       785     0    50     1     1
 -1.2657847060562577E+00 a       786     0    50     1     2
 -1.9780935230961574E-01 a       787     0    50     1     3
  1.7581590424369467E-01 a       788     0    50     1     4
 -1.9668551932241057E-01 a       789     0    50     1     5
 -1.0668020774289863E-01 a       790     0    50     1     6
 -2.4956464598835473E-01 a       791     0    50     1     7
 -1.1679375344343172E+00 a       792     0    50     1     8
  1.2509909124695586E+00 a       793     0    50     1     9
  1.6533214314306710E-01 a       794     0    50     1    10
  6.0696352747689986E-01 a       795     0    50     1    11
 -1.6231821319928890E+00 a       796     0    50     1    12
 -1.2114728067448552E+00 a       797     0    50     1    13
 -1.4705581840210638E+00 a       798     0    50     1    14
  1.1821159419734180E+00 a       799     0    50     1    15
 -1.7401074306319411E+00 a       800     0    50     1    16
 -4.2813935580562701E+00 a       801     0    51     1     1
  2.9923107087627417E-02 a       802     0    51     1     2
 -1.3130507956396924E+00 a       803     0    51     1     3
  3.4177350103424153E+00 a       804     0    51     1     4
  4.6343349219004643E-01 a       805     0    51     1     5
  4.5952556605283608E+00 a       806     0    51     1     6
  2.4592398356825593E-01 a       807     0    51     1     7
  3.1197992429658865E+00 a       808     0    51     1     8
 -3.5511464365772571E+00 a       809     0    51     1     9
  3.1132279060131589E+00 a       810     0    51     1    10
  1.4159860117802039E-01 a       811     0    51     1    11
 -9.7733234013942083E-01 a       812     0    51     1    12
 -1.1599771556026638E-01 a       813     0    51     1    13
  2.7144296336192442E+00 a       814     0    51     1    14
  9.5310393153224504E-01 a       815     0    51     1    15
 -1.0163781106473941E+00 a       816     0    51     1    16
 -1.7792246277489370E+00 a       817     0    52     1     1
 -4.2632948858682633E+00 a       818     0    52     1     2
  2.2165405195370989E+00 a       819     0    52     1     3
  8.3292977644779487E-01 a       820     0    52     1     4
 -3.6697737966071795E+00 a       821     0    52     1     5
 -4.0685866316321366E+00 a       822     0    52     1     6
 -6.3891083186202087E+00 a       823     0    52     1     7
 -4.6350442142901507E+00 a       824     0    52     1     8
 -4.7900533475619683E-01 a       825     0    52     1     9
  2.8481681978779427E-01 a       826     0    52     1    10
  1.2100131566891328E+00 a       827     0    52     1    11
 -3.4778610516385724E+00 a       828     0    52     1    12
 -3.1988826668440744E+00 a       829     0    52     1    13
 -1.2986736617581801E+01 a       830     0    52     1    14
  6.2254089086169087E+00 a       831     0    52     1    15
  7.0633837824187995E-01 a       832     0    52     1    16
  7.6967435536645271E-02 a       833     0    53     1     1
 -6.6901025464016595E-01 a       834     0    53     1     2
 -9.4234470000167014E-01 a       835     0    53     1     3
  1.0415456216109339E-01 a       836     0    53     1     4
 -1.7609996508685277E+00 a       837     0    53     1     5
  2.3132950176248128E+00 a       838     0    53     1     6
 -4.5993222998144621E+00 a       839     0    53     1     7
 -8.4869622379532195E-01 a       840     0    53     1     8
  1.2954659217701645E-01 a       841     0    53     1     9
  1.0294324061842161E+01 a       842     0    53     1    10
  2.1417524296051247E+00 a       843     0    53     1    11
 -4.4278928339739334E+00 a       844     0    53     1    12
 -1.5443815016208490E-01 a       845     0    53     1    13
 -5.6700410227083990E+00 a       846     0    53     1    14
  1.5987975868314612E+00 a       847     0    53     1    15
 -3.6272506867937276E-01 a       848     0    53     1    16
 -1.3643377543945873E-01 a       849     0    54     1     1
 -2.4176150262227858E+00 a       850     0    54     1     2
 -7.1500725154689782E-01 a       851     0    54     1     3
 -2.1949299352573584E+00 a       852     0    54     1     4
  1.5109235046754785E+00 a       853     0    54     1     5
  4.4453859179713545E-01 a       854     0    54     1     6
  8.7695913952464691E-02 a       855     0    54     1     7
 -2.4007971374995840E+00 a       856     0    54     1     8
 -2.7176649418079499E+00 a       857     0    54     1     9
  1.6726454139360125E+00 a       858     0    54     1    10
 -1.4982238015508085E+00 a       859     0    54     1    11
 -6.3238812199671441E+00 a       860     0    54     1    12
  1.3130011559814284E-01 a       861     0    54     1    13
  3.0429439954367945E+00 a       862     0    54     1    14
  7.6679156597350728E-01 a       863     0    54     1    15
 -1.9604842859362182E+00 a       864     0    54     1    16
 -2.5301561499405318E+00 a       865     0    55     1     1
  6.7108038631034050E+00 a       866     0    55     1     2
 -4.5642124481429995E+00 a       867     0    55     1     3
  4.1978624564143256E+00 a       868     0    55     1     4
 -5.5205690106691021E+00 a       869     0    55     1     5
 -1.3671112072138250E+00 a       870     0    55     1     6
 -2.2387664194159846E+00 a       871     0    55     1     7
 -1.9781934049717396E+00 a       872     0    55     1     8
 -1.5270859552733955E+00 a       873     0    55     1     9
 -3.4602914970524035E+00 a       874     0    55     1    10
  4.2520124263007935E+00 a       875     0    55     1    11
 -8.7829605528792758E+00 a       876     0    55     1    12
  2.8653310344427538E+00 a       877     0    55     1    13
  6.9636965881422581E+00 a       878     0    55     1    14
 -3.2657979759646518E+00 a       879     0    55     1    15
 -1.6148681814943704E+00 a       880     0    55     1    16
 -5.8939820856120511E+00 a       881     0    56     1     1
  6.9072766945349051E-01 a       882     0    56     1     2
  1.0682782734261476E+00 a       883     0    56     1     3
 -9.6972027165018027E-01 a       884     0    56     1     4
 -1.1787080564374879E+00 a       885     0    56     1     5
  3.3252693355029881E+00 a       886     0    56     1     6
 -4.5364780515982188E-03 a       887     0    56     1     7
  1.6540214134466986E+00 a       888     0    56     1     8
 -2.8225663763806130E+00 a       889     0    56     1     9
 -2.8888208155580113E+00 a       890     0    56     1    10
  1.2352747483597255E+00 a       891     0    56     1    11
 -7.3798099090495954E+00 a       892     0    56     1    12
  3.3978238618780563E+00 a       893     0    56     1    13
  3.1537006936477385E+00 a       894     0    56     1    14
 -7.8995777158063085E-01 a       895     0    56     1    15
 -1.2512639738363060E-01 a       896     0    56     1    16
  1.5502767375761493E+00 a       897     0    57     1     1
  2.1412397084782606E+00 a       898     0    57     1     2
  6.2593879655856304E+00 a       899     0    57     1     3
 -1.1607345935655172E+01 a       900     0    57     1     4
  2.2386886716510537E+00 a       901     0    57     1     5
 -2.5777053975449227E+00 a       902     0    57     1     6
  1.0322388018137033E+01 a       903     0    57     1     7
  7.1590949515764892E+00 a       904     0    57     1     8
  3.9662781026502536E+00 a       905     0    57     1     9
 -2.7287960582516706E+00 a       906     0    57     1    10
  1.0708071039306901E+01 a       907     0    57     1    11
  3.5425055440548459E+00 a       908     0    57     1    12
  1.3926449352074082E+01 a       909     0    57     1    13
  5.3158330792968291E+00 a       910     0    57     1    14
 -7.1732503636596441E+00 a       911     0    57     1    15
  9.9860317058337777E+00 a       912     0    57     1    16
  4.6944009806866136E+00 a       913     0    58     1     1
 -4.1300507923087265E-01 a       914     0    58     1     2
 -4.1170996089553045E+00 a       915     0    58     1     3
 -1.0573752640444280E+01 a       916     0    58     1     4
  1.1879489090658610E+00 a       917     0    58     1     5
  3.9618024313237936E+00 a       918     0    58     1     6
 -2.7546551713891949E+00 a       919     0    58     1     7
 -1.0401272265926945E+01 a       920     0    58     1     8
  7.8734616788487068E+00 a       921     0    58     1     9
  5.9829882061012665E+00 a       922     0    58     1    10
  1.9810507322945177E+00 a       923     0    58     1    11
 -5.6191376897584435E+00 a       924     0    58     1    12
 -5.0045297029889824E+00 a       925     0    58     1    13
 -3.1659212485272792E+00 a       926     0    58     1    14
 -1.5603544129759090E+00 a       927     0    58     1    15
 -1.1006185931192127E+00 a       928     0    58     1    16
  1.1042935009447103E+01 a       929     0    59     1     1
 -6.5464286913231406E+00 a       930     0    59     1     2
  6.7848695081410089E+00 a       931     0    59     1     3
 -1.3034175793528933E+00 a       932     0    59     1     4
  9.8744949494178638E+00 a       933     0    59     1     5
  6.0032589258467475E+00 a       934     0    59     1     6
 -1.4053380414116491E+01 a       935     0    59     1     7
  3.7007002672465834E+00 a       936     0    59     1     8
  1.1699492790086421E+00 a       937     0    59     1     9
 -2.7031873359044591E+00 a       938     0    59     1    10
  2.4576476369662803E-01 a       939     0    59     1    11
  3.1382624860842125E+00 a       940     0    59     1    12
 -8.2281531944876329E-01 a       941     0    59     1    13
  6.5868987763818412E+00 a       942     0    59     1    14
  4.5270244080761692E+00 a       943     0    59     1    15
  4.5539008705855117E+00 a       944     0    59     1    16
  1.2931104448308135E+00 a       945     0    60     1     1
  1.5878333584910751E+00 a       946     0    60     1     2
  3.5926208175231411E-01 a       947     0    60     1     3
  1.3603674527716834E+00 a       948     0    60     1     4
  2.4960316682853967E+00 a       949     0    60     1     5
 -2.4282664983679938E+00 a       950     0    60     1     6
  6.6509622286630963E+00 a       951     0    60     1     7
 -5.5050993396039261E-01 a       952     0    60     1     8
  2.4681477016491473E+00 a       953     0    60     1     9
  2.1491437288774544E+00 a       954     0    60     1    10
 -4.5411553759708205E+00 a       955     0    60     1    11
  8.6491745259599306E-01 a       956     0    60     1    12
 -4.5955250208880205E-01 a       957     0    60     1    13
  9.9143426194861597E+00 a       958     0    60     1    14
 -1.8632174153530585E+00 a       959     0    60     1    15
  1.6758444423773261E-01 a       960     0    60     1    16
 -1.1299521727899422E+00 a       961     0    61     1     1
  7.6530457901166971E-01 a       962     0    61     1     2
  3.6318002838928704E-01 a       963     0    61     1     3
 -1.2831241899105197E+00 a       964     0    61     1     4
  1.4134173934049745E+00 a       965     0    61     1     5
  4.1463523039152062E-01 a       966     0    61     1     6
  2.1970739259875169E+00 a       967     0    61     1     7
 -4.4268035748667844E-01 a       968     0    61     1     8
 -1.2864591939808194E+00 a       969     0    61     1     9
  2.6363210903668257E+00 a       970     0    61     1    10
  1.7883093395723607E-01 a       971     0    61     1    11
 -1.1708038987099885E+00 a       972     0    61     1    12
  1.7716416196068103E+00 a       973     0    61     1    13
  3.2626828572435596E+00 a       974     0    61     1    14
 -1.1348351738209046E+00 a       975     0    61     1    15
 -4.3449664281306205E-01 a       976     0    61     1    16
  3.7699093149959007E-01 a       977     0    62     1     1
 -4.6071098319024149E+00 a       978     0    62     1     2
  9.0375778651200367E+00 a       979     0    62     1     3
  2.3027182455831046E+00 a       980     0    62     1     4
  3.7953131516099323E+00 a       981     0    62     1     5
 -6.0503147222161262E+00 a       982     0    62     1     6
 -9.9253000310392778E+00 a       983     0    62     1     7
  2.6758206166131826E+00 a       984     0    62     1     8
 -6.9020905939947124E+00 a       985     0    62     1     9
 -3.9815858001111972E+00 a       986     0    62     1    10
  3.8140950323164819E+00 a       987     0    62     1    11
  7.0043542648535420E+00 a       988     0    62     1    12
  4.7848712227958821E+00 a       989     0    62     1    13
  2.3219043916625521E+00 a       990     0    62     1    14
  3.5418611427672086E+00 a       991     0    62     1    15
  2.1984742394027719E+00 a       992     0    62     1    16
  2.0004604156056399E-01 a       993     0    63     1     1
  1.4100747377032274E+00 a       994     0    63     1     2
  8.1304399954515982E-01 a       995     0    63     1     3
 -4.3382660838323506E-01 a       996     0    63     1     4
  4.5188340452010717E-01 a       997     0    63     1     5
 -2.8418850956114056E-01 a       998     0    63     1     6
 -6.4427376205626681E+00 a       999     0    63     1     7
 -1.0123161236317006E+00 a      1000     0    63     1     8
 -2.9538996651188709E+00 a      1001     0    63     1     9
  6.0097063000929358E+00 a      1002     0    63     1    10
  2.3966390393508030E+00 a      1003     0    63     1    11
  2.5442263781068957E+00 a      1004     0    63     1    12
 -1.1612654091162102E+00 a      1005     0    63     1    13
 -1.1951218198556230E+00 a      1006     0    63     1    14
  2.1564480658623566E+00 a      1007     0    63     1    15
  4.3222177709371650E+00 a      1008     0    63     1    16
  5.2152592273558609E+00 a      1009     0    64     1     1
 -3.0654403747854930E+00 a      1010     0    64     1     2
  7.2553072623857285E-03 a      1011     0    64     1     3
  4.6970964246683558E+00 a      1012     0    64     1     4
 -2.6253669291731012E+00 a      1013     0    64     1     5
 -9.0065433773435266E-01 a      1014     0    64     1     6
 -1.2178475412139024E+01 a      1015     0    64     1     7
  9.8381670511596775E-01 a      1016     0    64     1     8
 -1.7630939783127455E+00 a      1017     0    64     1     9
 -3.1122755993308204E+00 a      1018     0    64     1    10
 -8.4391718111944485E+00 a      1019     0    64     1    11
 -4.9152252947439132E+00 a      1020     0    64     1    12
 -7.9873185158021380E+00 a      1021     0    64     1    13
 -6.3180382007483926E+00 a      1022     0    64     1    14
  5.1312496444997917E+00 a      1023     0    64     1    15
 -4.6258833324559046E+00 a      1024     0    64     1    16
  3.8050881062448816E-01 b      1025     1     1
  2.3278588973701161E-01 b      1026     1     2
  3.2941105417121025E-01 b      1027     1     3
 -1.7925866516122382E-01 b      1028     1     4
  1.8331505215126984E-01 b      1029     1     5
 -2.5054941197984748E-01 b      1030     1     6
  2.6690721417387614E-01 b      1031     1     7
  8.5955642606659638E-02 b      1032     1     8
 -6.7601921170208384E-02 b      1033     1     9
  9.4189977563759589E-02 b      1034     1    10
  8.9599833564892335E-03 b      1035     1    11
  5.9461938219948253E-02 b      1036     1    12
  6.7178392444156509E-01 b      1037     1    13
  1.2730452950614468E-01 b      1038     1    14
  1.5574387280162902E-01 b      1039     1    15
  9.5005323675387957E-02 b      1040     1    16
 -1.0639233970061179E+00 a      1041     1     1     2     1
  8.2354315416754909E-01 a      1042     1     1     2     2
 -7.6606289678178818E-01 a      1043     1     1     2     3
  2.1579472265859395E-01 a      1044     1     1     2     4
  1.7871599680422151E-01 a      1045     1     1     2     5
 -1.0088340282687844E-01 a      1046     1     1     2     6
 -1.6268004118845345E+00 a      1047     1     1     2     7
  6.7054686550240317E-01 a      1048     1     1     2     8
  3.6541387201443931E-01 a      1049     1     1     2     9
  9.4057027507949531E-02 a      1050     1     1     2    10
 -4.3269021127926877E-01 a      1051     1     1     2    11
  2.2657259443807887E-01 a      1052     1     1     2    12
 -2.7368424375909856E-01 a      1053     1     1     2    13
  5.1436769282931416E-01 a      1054     1     1     2    14
  4.3180614288503277E-01 a      1055     1     1     2    15
 -3.4002306131853866E-01 a      1056     1     1     2    16
  7.9965161753045733E-01 a      1057     1     2     2     1
 -6.2231509734573121E-01 a      1058     1     2     2     2
  1.3783263109526542E-01 a      1059     1     2     2     3
 -3.7330753039505299E-01 a      1060     1     2     2     4
  1.4856366071811580E-01 a      1061     1     2     2     5
  3.1472597334170571E-01 a      1062     1     2     2     6
  1.1037033371916187E+00 a      1063     1     2     2     7
 -2.2072220855331656E-02 a      1064     1     2     2     8
 -1.6122546942858402E+00 a      1065     1     2     2     9
 -1.0070410088373114E+00 a      1066     1     2     2    10
  6.4859331349498039E-01 a      1067     1     2     2    11
  6.8564981010881793E-02 a      1068     1     2     2    12
 -3.1407795691158685E-01 a      1069     1     2     2    13
 -1.7155659987896021E-01 a      1070     1     2     2    14
 -8.4930861616405773E-01 a      1071     1     2     2    15
 -4.2655194990256795E-01 a      1072     1     2     2    16
  5.6833474478080614E-01 a      1073     1     3     2     1
  7.7000188316812185E-02 a      1074     1     3     2     2
 -5.7337582783953878E-01 a      1075     1     3     2     3
 -7.9789393185564783E-01 a      1076     1     3     2     4
  4.3102756432148437E-01 a      1077     1     3     2     5
 -1.0990125751508849E-01 a      1078     1     3     2     6
 -7.3947476134398926E-01 a      1079     1     3     2     7
 -6.1118535440122967E-01 a      1080     1     3     2     8
 -5.8564025069913928E-01 a      1081     1     3     2     9
  1.2701634091043086E+00 a      1082     1     3     2    10
  8.2194612930771449E-01 a      1083     1     3     2    11
 -3.3438053906703363E-01 a      1084     1     3     2    12
 -1.7036439952342899E+00 a      1085     1     3     2    13
 -8.8035722694369523E-01 a      1086     1     3     2    14
  9.0528646815139613E-01 a      1087     1     3     2    15
 -9.5408092961384083E-02 a      1088     1     3     2    16
  4.9384673083074523E-02 a      1089     1     4     2     1
 -4.1949778820818118E-01 a      1090     1     4     2     2
 -6.1625536171021324E-02 a      1091     1     4     2     3
 -9.8802349198095509E-07 a      1092     1     4     2     4
  8.1183946351445782E-02 a      1093     1     4     2     5
  4.6235645806915460E-01 a      1094     1     4     2     6
 -7.3443143419989232E-01 a      1095     1     4     2     7
  1.7270988443639659E-01 a      1096     1     4     2     8
 -6.8849905074075313E-01 a      1097     1     4     2     9
  1.5871405371190428E-01 a      1098     1     4     2    10
 -3.0915681908130044E-01 a      1099     1     4     2    11
 -6.0169627251515423E-01 a      1100     1     4     2    12
 -1.3451650319939050E+00 a      1101     1     4     2    13
 -2.7507807547041263E-01 a      1102     1     4     2    14
  6.2640779514468448E-02 a      1103     1     4     2    15
 -8.0546824941635384E-02 a      1104     1     4     2    16
  3.8961271131762104E-01 a      1105     1     5     2     1
  1.1874785712998659E+00 a      1106     1     5     2     2
 -2.9703141555788279E-02 a      1107     1     5     2     3
  8.7752115981913781E-01 a      1108     1     5     2     4
 -4.9340739032463915E-01 a      1109     1     5     2     5
 -3.6103444823063502E-01 a      1110     1     5     2     6
 -2.0627538928364469E-02 a      1111     1     5     2     7
 -3.5756896551347106E-01 a      1112     1     5     2     8
  9.2431517711568933E-01 a      1113     1     5     2     9
 -3.9179447606165296E-01 a      1114     1     5     2    10
  2.6141911933874242E+00 a      1115     1     5     2    11
  1.7656486433868079E-01 a      1116     1     5     2    12
 -2.8682154213486882E-01 a      1117     1     5     2    13
 -6.4082593820581701E-01 a      1118     1     5     2    14
 -1.2134551784441421E+00 a      1119     1     5     2    15
 -3.8645183919022869E-01 a      1120     1     5     2    16
 -3.8235431813823462E-01 a      1121     1     6     2     1
  5.7681342368547672E-01 a      1122     1     6     2     2
 -3.4952933941860814E-01 a      1123     1     6     2     3
 -2.9661915914852705E-02 a      1124     1     6     2     4
 -1.4754776004871411E-03 a      1125     1     6     2     5
 -3.1668329015261742E-01 a      1126     1     6     2     6
 -2.4235335848487902E-01 a      1127     1     6     2     7
 -8.3566775611270172E-01 a      1128     1     6     2     8
 -4.0617109801049445E-01 a      1129     1     6     2     9
  9.0222911395860239E-01 a      1130     1     6     2    10
 -5.3635261463946149E-01 a      1131     1     6     2    11
  2.0819399626399426E-01 a      1132     1     6     2    12
 -3.7678272711368760E-01 a      1133     1     6     2    13
 -2.3742792444379965E-01 a      1134     1     6     2    14
  1.4183677119569147E+00 a      1135     1     6     2    15
  6.6785578829326966E-02 a      1136     1     6     2    16
  1.6323923298801024E-01 a      1137     1     7     2     1
  2.1320271210760380E-01 a      1138     1     7     2     2
 -5.4500397626385833E-01 a      1139     1     7     2     3
 -8.7237465606694542E-01 a      1140     1     7     2     4
 -2.2588994886142399E-01 a      1141     1     7     2     5
 -9.5418710387707317E-01 a      1142     1     7     2     6
  2.4947548124777300E-01 a      1143     1     7     2     7
 -1.0024019627523863E-01 a      1144     1     7     2     8
  9.3193230905441349E-01 a      1145     1     7     2     9
  6.5303817267623665E-01 a      1146     1     7     2    10
 -1.6603692627655757E+00 a      1147     1     7     2    11
 -5.3595742370770083E-01 a      1148     1     7     2    12
 -1.0923367145095826E+00 a      1149     1     7     2    13
 -6.5934043064367565E-01 a      1150     1     7     2    14
  5.7297507458033670E-01 a      1151     1     7     2    15
 -5.4537628849773179E-01 a      1152     1     7     2    16
 -5.6077322304143318E-01 a      1153     1     8     2     1
  6.3854868453341573E-01 a      1154     1     8     2     2
 -1.9116404199053741E-01 a      1155     1     8     2     3
  1.2695731264499852E+00 a      1156     1     8     2     4
  9.0068682085403429E-01 a      1157     1     8     2     5
  4.1016347759221206E-01 a      1158     1     8     2     6
 -6.4696091240626763E-01 a      1159     1     8     2     7
 -1.6352413249162787E-01 a      1160     1     8     2     8
  4.2553987778443442E-01 a      1161     1     8     2     9
  2.8732289504581138E-02 a      1162     1     8     2    10
 -2.4046495493737249E-01 a      1163     1     8     2    11
  7.8457394559149529E-01 a      1164     1     8     2    12
  1.7447027795060053E+00 a      1165     1     8     2    13
  1.4781088849237227E+00 a      1166     1     8     2    14
 -4.8437499472779857E-03 a      1167     1     8     2    15
  7.1727275250248593E-02 a      1168     1     8     2    16
  1.9465514661161976E+00 a      1169     1     9     2     1
 -2.9602692308169282E-01 a      1170     1     9     2     2
  1.1201745223182327E+00 a      1171     1     9     2     3
 -8.0426518138756176E-01 a      1172     1     9     2     4
  1.2140773252309062E-01 a      1173     1     9     2     5
  9.6055999819795279E-01 a      1174     1     9     2     6
  5.0591388501579751E-02 a      1175     1     9     2     7
 -4.9596988141911835E-01 a      1176     1     9     2     8
 -1.8164675963046391E+00 a      1177     1     9     2     9
  1.4271323034590770E+00 a      1178     1     9     2    10
  1.3135680854768225E-02 a      1179     1     9     2    11
 -4.7446065928672898E-02 a      1180     1     9     2    12
  2.9610464648346163E-01 a      1181     1     9     2    13
  1.4468451180516020E-01 a      1182     1     9     2    14
 -5.6741877661304418E-01 a      1183     1     9     2    15
  5.1511129463033423E-01 a      1184     1     9     2    16
 -5.5352573466063992E-01 a      1185     1    10     2     1
  6.9707703609770200E-01 a      1186     1    10     2     2
 -2.2937025239431638E-01 a      1187     1    10     2     3
  3.8272951382016379E-01 a      1188     1    10     2     4
 -1.4957092030142694E-01 a      1189     1    10     2     5
 -7.2307840953163394E-01 a      1190     1    10     2     6
  5.9330222932999299E-01 a      1191     1    10     2     7
  2.6345346054654002E-02 a      1192     1    10     2     8
  4.4865679790898011E-01 a      1193     1    10     2     9
  4.3403261276982227E-02 a      1194     1    10     2    10
 -4.9434372184344744E-01 a      1195     1    10     2    11
  5.3148788550939130E-01 a      1196     1    10     2    12
 -7.7627835666504907E-01 a      1197     1    10     2    13
 -6.8119100224720708E-01 a      1198     1    10     2    14
 -6.7195558642490516E-01 a      1199     1    10     2    15
 -4.9258831060905434E-01 a      1200     1    10     2    16
  1.7290607526069351E-01 a      1201     1    11     2     1
  1.8047204725263173E-02 a      1202     1    11     2     2
 -4.1030371655154618E-01 a      1203     1    11     2     3
  8.9427029938075123E-02 a      1204     1    11     2     4
 -7.4001059194550844E-01 a      1205     1    11     2     5
  8.5352429625435167E-01 a      1206     1    11     2     6
 -3.6483131140883451E-01 a      1207     1    11     2     7
  7.2136919122180643E-01 a      1208     1    11     2     8
 -1.6120965472084154E+00 a      1209     1    11     2     9
 -4.8316881910843457E-01 a      1210     1    11     2    10
 -2.8589854070491594E-01 a      1211     1    11     2    11
  2.1907257911736308E-01 a      1212     1    11     2    12
 -1.3965920606655846E-01 a      1213     1    11     2    13
  4.3156710941986899E-02 a      1214     1    11     2    14
 -2.6633799348300291E-01 a      1215     1    11     2    15
  9.3337189772192164E-01 a      1216     1    11     2    16
  5.5604070758518656E-02 a      1217     1    12     2     1
  6.9563617828980318E-01 a      1218     1    12     2     2
  1.0951229598366716E+00 a      1219     1    12     2     3
  1.0773690036280167E-01 a      1220     1    12     2     4
  2.2928288257818272E-01 a      1221     1    12     2     5
  1.2696242771601565E-01 a      1222     1    12     2     6
  1.2717205758436361E+00 a      1223     1    12     2     7
 -1.0306305946608720E+00 a      1224     1    12     2     8
 -3.1033415474325382E-01 a      1225     1    12     2     9
 -5.2212324804559507E-01 a      1226     1    12     2    10
  1.1131387445929337E+00 a      1227     1    12     2    11
 -2.7654358749963287E-01 a      1228     1    12     2    12
  1.3194026190644159E+00 a      1229     1    12     2    13
  1.9178386949970033E-01 a      1230     1    12     2    14
 -1.5372266901890863E-01 a      1231     1    12     2    15
  4.6280273402621358E-01 a      1232     1    12     2    16
  9.6274016645575167E-01 a      1233     1    13     2     1
 -5.8650291481906514E-01 a      1234     1    13     2     2
  1.3732858706553681E+00 a      1235     1    13     2     3
 -5.7876326850811632E-01 a      1236     1    13     2     4
 -1.0688417596970732E+00 a      1237     1    13     2     5
  2.4512887941360942E-01 a      1238     1    13     2     6
  9.0501126935604626E-01 a      1239     1    13     2     7
  1.7732104630702186E-01 a      1240     1    13     2     8
 -3.5963920774644131E-01 a      1241     1    13     2     9
 -3.8378669042614938E-01 a      1242     1    13     2    10
 -7.7471523928335631E-02 a      1243     1    13     2    11
 -3.7116864993079407E-01 a      1244     1    13     2    12
  4.4476931755069937E-01 a      1245     1    13     2    13
 -1.2165568837127844E-01 a      1246     1    13     2    14
 -2.0516547856126994E+00 a      1247     1    13     2    15
  7.0765082002351423E-03 a      1248     1    13     2    16
 -8.0568652799932128E-01 a      1249     1    14     2     1
 -4.9046469325452979E-02 a      1250     1    14     2     2
 -5.1813220775296565E-01 a      1251     1    14     2     3
  3.6210840421030172E-01 a      1252     1    14     2     4
 -6.8223263047583416E-01 a      1253     1    14     2     5
 -7.7172738219798642E-01 a      1254     1    14     2     6
  3.3922394862357536E-01 a      1255     1    14     2     7
 -1.7209904629947365E-01 a      1256     1    14     2     8
  1.4687996578800462E+00 a      1257     1    14     2     9
 -2.8371527067962754E-01 a      1258     1    14     2    10
 -3.4769468445825580E-01 a      1259     1    14     2    11
  6.1446868718065850E-01 a      1260     1    14     2    12
  9.5314972759553227E-03 a      1261     1    14     2    13
 -1.6044018447003566E-01 a      1262     1    14     2    14
  8.9160405319758274E-01 a      1263     1    14     2    15
 -2.7990015370382793E-01 a      1264     1    14     2    16
 -2.1244411872776456E-01 a      1265     1    15     2     1
 -3.4502901665926455E-01 a      1266     1    15     2     2
  5.8274171082790338E-01 a      1267     1    15     2     3
 -8.5389734087253266E-01 a      1268     1    15     2     4
  1.1715639230287906E+00 a      1269     1    15     2     5
 -7.7582584729193582E-01 a      1270     1    15     2     6
  8.9444954057766302E-01 a      1271     1    15     2     7
 -9.9901096821686119E-01 a      1272     1    15     2     8
 -7.3805953801632862E-01 a      1273     1    15     2     9
 -7.2621207290747625E-01 a      1274     1    15     2    10
  1.9009025016579768E+00 a      1275     1    15     2    11
  6.6419304420630343E-01 a      1276     1    15     2    12
  6.0131204504688129E-01 a      1277     1    15     2    13
 -6.1511396887303893E-01 a      1278     1    15     2    14
 -6.2846394095012592E-01 a      1279     1    15     2    15
 -1.5683011985212561E-01 a      1280     1    15     2    16
  2.0423271743323040E-01 a      1281     1    16     2     1
  3.6491807328617493E-01 a      1282     1    16     2     2
  1.0469099632377929E-01 a      1283     1    16     2     3
 -1.0130732427907729E+00 a      1284     1    16     2     4
 -6.2959782832795061E-02 a      1285     1    16     2     5
  2.2936176790914006E-01 a      1286     1    16     2     6
  2.1789300438205958E-01 a      1287     1    16     2     7
  5.5241002124837757E-01 a      1288     1    16     2     8
  7.2196308477648430E-01 a      1289     1    16     2     9
  1.4436460943415735E-01 a      1290     1    16     2    10
 -2.1180715833729598E+00 a      1291     1    16     2    11
 -8.4599960215575343E-01 a      1292     1    16     2    12
  4.2052403454888927E-02 a      1293     1    16     2    13
  2.8805614197653839E-01 a      1294     1    16     2    14
  1.7009769785191106E-01 a      1295     1    16     2    15
  2.5005433695491014E-03 a      1296     1    16     2    16
  1.7554895843264631E-01 b      1297     2     1
 -1.1274214386447450E+00 b      1298     2     2
  4.3713545255563102E-01 b      1299     2     3
 -7.4102123444105283E-01 b      1300     2     4
 -1.4860134001727900E+00 b      1301     2     5
  1.0359473940254660E+00 b      1302     2     6
 -1.3003977917458367E+00 b      1303     2     7
 -7.5426166254234876E-03 b      1304     2     8
  1.4331229051138050E+00 b      1305     2     9
  1.0933733035922226E+00 b      1306     2    10
 -1.0479667770270931E+00 b      1307     2    11
  1.6028126626731716E+00 b      1308     2    12
 -4.6017773636532350E-01 b      1309     2    13
 -1.0547887532882709E+00 b      1310     2    14
  1.2488494388706053E+00 b      1311     2    15
  6.8496240413182508E-01 b      1312     2    16
 -8.5330170794277210E-02 a      1313     2     1     3     1
 -5.1434497719660334E-02 a      1314     2     2     3     1
  1.3272920501434612E-01 a      1315     2     3     3     1
  3.1980093121523756E-01 a      1316     2     4     3     1
 -7.5516231205604092E-02 a      1317     2     5     3     1
 -1.6946272054247488E-01 a      1318     2     6     3     1
  2.7490101081846175E-02 a      1319     2     7     3     1
  3.2497642576314678E-01 a      1320     2     8     3     1
  4.4692833737094333E-03 a      1321     2     9     3     1
  7.4676559171302073E-02 a      1322     2    10     3     1
  1.2917418097571048E-02 a      1323     2    11     3     1
 -5.9563296394075683E-02 a      1324     2    12     3     1
 -2.0469055524850857E-01 a      1325     2    13     3     1
  6.6471299165316999E-01 a      1326     2    14     3     1
 -3.1878701442134304E-02 a      1327     2    15     3     1
  2.0758041060013532E-01 a      1328     2    16     3     1
 -9.8139622148324640E-02 b      1329     3     1
