################################################################################
# Neural network connection values (weights and biases).
################################################################################
# Col  Name       Description
################################################################################
# 1    connection Neural network connection value.
# 2    t          Connection type (a = weight, b = bias).
# 3    index      Index enumerating weights.
# 4    l_s        Starting point layer (end point layer for biases).
# 5    n_s        Starting point neuron in starting layer (end point neuron for biases).
# 6    l_e        End point layer.
# 7    n_e        End point neuron in end layer.
################################################################################
#                      1 2         3     4     5     6     7
#             connection t     index   l_s   n_s   l_e   n_e
############################################################
 -1.2825602569026719E+00 a         1     0     1     1     1
  4.8230947639945896E+00 a         2     0     1     1     2
  3.8727451972030791E-01 a         3     0     1     1     3
 -7.1463575132053458E-01 a         4     0     1     1     4
 -1.1158310345520726E+00 a         5     0     1     1     5
 -1.8355395258347409E+00 a         6     0     1     1     6
  2.9065540887936887E+00 a         7     0     1     1     7
  2.2852972738139163E+00 a         8     0     1     1     8
  1.0619680700068366E+00 a         9     0     1     1     9
  4.6766534669075227E-01 a        10     0     1     1    10
  2.8800328696414863E+00 a        11     0     1     1    11
  2.9863961754821684E+00 a        12     0     1     1    12
 -3.4036735284389561E+00 a        13     0     1     1    13
 -9.9234520411246230E-01 a        14     0     1     1    14
 -1.8253082778469884E-01 a        15     0     1     1    15
  2.4607527420493127E-02 a        16     0     1     1    16
  1.2458248371255338E+00 a        17     0     2     1     1
  5.0182554088495852E+00 a        18     0     2     1     2
 -1.6279661119407451E+00 a        19     0     2     1     3
 -5.0044304490752611E-01 a        20     0     2     1     4
 -4.3584731666008611E+00 a        21     0     2     1     5
 -1.9890606602329325E-01 a        22     0     2     1     6
 -3.5621726584712088E-01 a        23     0     2     1     7
  4.2573276011898953E-01 a        24     0     2     1     8
  3.8983859814930364E+00 a        25     0     2     1     9
 -1.3714776595393563E+00 a        26     0     2     1    10
  3.9460129662175492E+00 a        27     0     2     1    11
  9.1754710778594784E-01 a        28     0     2     1    12
  1.4131916652888656E+00 a        29     0     2     1    13
 -4.8154538658675261E-01 a        30     0     2     1    14
  5.2969214267516493E+00 a        31     0     2     1    15
  3.0808492713821121E+00 a        32     0     2     1    16
 -6.2671779910493113E+00 a        33     0     3     1     1
  3.4759827920993254E+00 a        34     0     3     1     2
 -2.2272012005150716E+00 a        35     0     3     1     3
 -5.7815048045621731E-01 a        36     0     3     1     4
  1.7850376740628182E-01 a        37     0     3     1     5
  3.9689426130619405E+00 a        38     0     3     1     6
 -9.2865692962588609E-01 a        39     0     3     1     7
 -1.6023099408431538E+00 a        40     0     3     1     8
 -4.1149979826206717E+00 a        41     0     3     1     9
  7.9818204438980883E-02 a        42     0     3     1    10
  2.0411779275996351E+00 a        43     0     3     1    11
  3.6115652173782381E-01 a        44     0     3     1    12
  8.9030564325441137E+00 a        45     0     3     1    13
 -8.0629290047933388E-01 a        46     0     3     1    14
 -2.8152813658698678E-01 a        47     0     3     1    15
 -2.6401613097655643E+00 a        48     0     3     1    16
  3.4781670924952590E+00 a        49     0     4     1     1
  2.6206246062559568E+00 a        50     0     4     1     2
 -2.5027302547981828E-01 a        51     0     4     1     3
 -1.0088303236584135E+00 a        52     0     4     1     4
 -3.5282750663285078E+00 a        53     0     4     1     5
  2.2266682369412933E+00 a        54     0     4     1     6
 -3.3266137521263872E-01 a        55     0     4     1     7
 -1.9300382121924569E+00 a        56     0     4     1     8
  6.6375940148454946E+00 a        57     0     4     1     9
  1.2541001568026120E+00 a        58     0     4     1    10
 -5.2521917497694588E+00 a        59     0     4     1    11
 -2.1087809494156757E+00 a        60     0     4     1    12
 -3.7811640311523265E+00 a        61     0     4     1    13
 -9.0991332341675324E-01 a        62     0     4     1    14
  3.1004240083186030E+00 a        63     0     4     1    15
  1.8156084141644266E+00 a        64     0     4     1    16
  1.2721620422134561E+00 a        65     0     5     1     1
  6.5611083606378151E-01 a        66     0     5     1     2
  2.3789657798046706E+00 a        67     0     5     1     3
 -3.1613429343537131E-01 a        68     0     5     1     4
 -6.4206270433750112E-01 a        69     0     5     1     5
  2.0314564625793690E+00 a        70     0     5     1     6
 -1.2256690270524409E+00 a        71     0     5     1     7
 -2.2868843539621704E+00 a        72     0     5     1     8
 -1.2505007486290010E+00 a        73     0     5     1     9
  1.9665111459253932E+00 a        74     0     5     1    10
 -2.6096887370004151E+00 a        75     0     5     1    11
 -1.3496245423706912E+00 a        76     0     5     1    12
  4.0406395936608988E+00 a        77     0     5     1    13
 -4.2767088686679289E-01 a        78     0     5     1    14
 -3.1304316898329837E-01 a        79     0     5     1    15
 -2.2439596891588139E-02 a        80     0     5     1    16
 -1.9646220336824094E+00 a        81     0     6     1     1
 -8.6047117503968928E-01 a        82     0     6     1     2
  9.8619991644199911E-01 a        83     0     6     1     3
  7.8965984601958294E-01 a        84     0     6     1     4
  1.1549351871014064E+00 a        85     0     6     1     5
 -8.5194329363317861E-02 a        86     0     6     1     6
 -5.2313242358402101E-01 a        87     0     6     1     7
 -1.4634215919705409E-01 a        88     0     6     1     8
 -2.1217724619723364E+00 a        89     0     6     1     9
  2.3381053853484532E+00 a        90     0     6     1    10
 -1.3332004270924425E+00 a        91     0     6     1    11
 -1.3074582121806260E+00 a        92     0     6     1    12
 -1.6757025387777904E+00 a        93     0     6     1    13
  1.5186948144921160E+00 a        94     0     6     1    14
 -2.6909428152559984E+00 a        95     0     6     1    15
 -7.5895474785605155E-01 a        96     0     6     1    16
  3.4868647264817874E+00 a        97     0     7     1     1
 -7.6703678575777730E+00 a        98     0     7     1     2
  4.9921410732137605E-01 a        99     0     7     1     3
 -1.5183382321371812E+00 a       100     0     7     1     4
 -7.2679847849215173E+00 a       101     0     7     1     5
 -6.1101219200813688E+00 a       102     0     7     1     6
 -1.7741208761485567E+00 a       103     0     7     1     7
  2.9131464430815011E+00 a       104     0     7     1     8
  5.3122330713615051E-01 a       105     0     7     1     9
 -8.8212149790348349E+00 a       106     0     7     1    10
  1.0952511493681802E+00 a       107     0     7     1    11
  2.7253732092015484E+00 a       108     0     7     1    12
 -9.0592733019863703E-01 a       109     0     7     1    13
  1.7563267319924503E+00 a       110     0     7     1    14
 -2.0470949897402826E+00 a       111     0     7     1    15
  2.4969654032647002E+00 a       112     0     7     1    16
 -1.6622566319296459E+00 a       113     0     8     1     1
  4.8749769221927437E+00 a       114     0     8     1     2
  1.0401723877000335E+00 a       115     0     8     1     3
  1.1610975810658821E+00 a       116     0     8     1     4
  8.5947689774221807E+00 a       117     0     8     1     5
  6.0478925453960128E+00 a       118     0     8     1     6
  2.4477287711972959E+00 a       119     0     8     1     7
 -1.0300033217539117E+00 a       120     0     8     1     8
 -3.6830331790242017E+00 a       121     0     8     1     9
  7.1154641747294081E+00 a       122     0     8     1    10
 -2.2677925957236253E-01 a       123     0     8     1    11
 -7.9997852201205977E-01 a       124     0     8     1    12
  1.1508821665747908E+00 a       125     0     8     1    13
 -8.2955515571399452E-01 a       126     0     8     1    14
 -1.2992766622106979E+00 a       127     0     8     1    15
 -1.1829171789606621E+00 a       128     0     8     1    16
 -2.0532296238309340E+00 a       129     0     9     1     1
 -3.8191095748809563E+00 a       130     0     9     1     2
 -3.1148286874118263E+00 a       131     0     9     1     3
  1.3398517825862921E+00 a       132     0     9     1     4
 -9.6124630930005495E-01 a       133     0     9     1     5
  1.1729403712045774E+00 a       134     0     9     1     6
 -2.7207724673854519E+00 a       135     0     9     1     7
  1.5685881941209692E-02 a       136     0     9     1     8
  2.3444646950275513E-01 a       137     0     9     1     9
  6.0413794624105499E-01 a       138     0     9     1    10
 -2.5042157333531514E+00 a       139     0     9     1    11
 -7.0700710162936717E+00 a       140     0     9     1    12
  3.3067404805373681E+00 a       141     0     9     1    13
  6.9516969324068068E-01 a       142     0     9     1    14
  1.2324500311668773E+00 a       143     0     9     1    15
  1.3169272448101381E+00 a       144     0     9     1    16
  5.8963202487952726E-01 a       145     0    10     1     1
  1.1001219372904680E+00 a       146     0    10     1     2
  3.9654968384555271E+00 a       147     0    10     1     3
  1.1542645914909138E+00 a       148     0    10     1     4
  3.1226630618772546E+00 a       149     0    10     1     5
  7.4253914582856850E-01 a       150     0    10     1     6
  2.4508743401052433E+00 a       151     0    10     1     7
  1.5057319737335977E+00 a       152     0    10     1     8
 -2.0067539912095795E+00 a       153     0    10     1     9
  5.6599167164720754E-01 a       154     0    10     1    10
 -6.2097720457546224E+00 a       155     0    10     1    11
 -3.7280561677579178E+00 a       156     0    10     1    12
  1.5899658813994313E+00 a       157     0    10     1    13
 -2.6443084108110426E-01 a       158     0    10     1    14
 -4.8312553540729910E+00 a       159     0    10     1    15
 -5.1056057897357310E-01 a       160     0    10     1    16
  3.8836032340315652E+00 a       161     0    11     1     1
 -3.7553493568042484E-01 a       162     0    11     1     2
  1.0716066340483132E+00 a       163     0    11     1     3
  2.1435886832856790E+00 a       164     0    11     1     4
  5.1100606732778688E+00 a       165     0    11     1     5
 -3.5624994215715331E+00 a       166     0    11     1     6
  1.4104242291796036E+00 a       167     0    11     1     7
  6.0647121611441346E+00 a       168     0    11     1     8
 -9.8574024719315212E-01 a       169     0    11     1     9
  1.4642532944763005E+00 a       170     0    11     1    10
 -1.4585017404520439E+00 a       171     0    11     1    11
 -3.5626017141980388E+00 a       172     0    11     1    12
 -6.9245225531481607E+00 a       173     0    11     1    13
  1.8606078255399510E+00 a       174     0    11     1    14
 -2.3906886170975676E+00 a       175     0    11     1    15
  2.6989733244613490E+00 a       176     0    11     1    16
 -1.7157700155089086E+00 a       177     0    12     1     1
 -9.1155852449436003E-01 a       178     0    12     1     2
 -7.8158250462993328E-01 a       179     0    12     1     3
  1.2586572771463072E+00 a       180     0    12     1     4
  1.3682831672102194E+00 a       181     0    12     1     5
 -2.5555619570748513E+00 a       182     0    12     1     6
  4.1071984518309412E-01 a       183     0    12     1     7
 -4.6342740064749888E-01 a       184     0    12     1     8
 -9.9415724861021215E-01 a       185     0    12     1     9
 -3.5638886107965201E-01 a       186     0    12     1    10
  7.2150749424725558E-01 a       187     0    12     1    11
  5.4848246686780264E+00 a       188     0    12     1    12
 -3.1221374998950968E-01 a       189     0    12     1    13
 -2.2445543847100846E+00 a       190     0    12     1    14
 -1.4166024293086164E+00 a       191     0    12     1    15
 -7.9442801386388262E-01 a       192     0    12     1    16
  4.1355628239805231E+00 a       193     0    13     1     1
 -4.8768823715023233E+00 a       194     0    13     1     2
 -1.5307604948543316E+00 a       195     0    13     1     3
  1.0594050262662418E+00 a       196     0    13     1     4
 -9.1770965927421178E-01 a       197     0    13     1     5
 -2.4268200651751122E+00 a       198     0    13     1     6
 -5.1869547534946783E+00 a       199     0    13     1     7
 -9.0140796820319197E-02 a       200     0    13     1     8
 -1.2851580519195618E+00 a       201     0    13     1     9
 -5.2435565632592118E-01 a       202     0    13     1    10
  2.8286879747299269E+00 a       203     0    13     1    11
  4.3274683261243903E+00 a       204     0    13     1    12
 -7.6181206248964350E-01 a       205     0    13     1    13
 -1.9965381054478286E+00 a       206     0    13     1    14
 -5.9858461441264985E-02 a       207     0    13     1    15
  1.3759110275064594E+00 a       208     0    13     1    16
 -2.5631078172649184E+00 a       209     0    14     1     1
  4.4039527121744690E+00 a       210     0    14     1     2
 -2.3102336627152602E+00 a       211     0    14     1     3
 -9.7517991524039189E+00 a       212     0    14     1     4
  4.3507664918333655E-01 a       213     0    14     1     5
  5.9747920564756338E+00 a       214     0    14     1     6
 -6.4166194165505355E-03 a       215     0    14     1     7
  3.3103096271145773E+00 a       216     0    14     1     8
 -5.7673916051117287E+00 a       217     0    14     1     9
  6.6719360387372735E+00 a       218     0    14     1    10
 -9.5322726001403240E+00 a       219     0    14     1    11
  6.1065185042542574E+00 a       220     0    14     1    12
 -8.4625579812065546E+00 a       221     0    14     1    13
  3.9530728494094238E+00 a       222     0    14     1    14
 -3.9555786396948784E+00 a       223     0    14     1    15
  4.8201539742181199E+00 a       224     0    14     1    16
 -1.4943059306004303E+00 a       225     0    15     1     1
  1.9538148719190485E+00 a       226     0    15     1     2
  1.5100122690270001E+00 a       227     0    15     1     3
 -1.9778522457107333E+00 a       228     0    15     1     4
  7.9705386024670200E-01 a       229     0    15     1     5
 -5.9178724565449938E+00 a       230     0    15     1     6
  1.9931326087053785E+00 a       231     0    15     1     7
 -2.6391997787921926E+00 a       232     0    15     1     8
 -7.0991178390885834E-01 a       233     0    15     1     9
  4.7530582508306102E-01 a       234     0    15     1    10
  7.5856902876173682E-01 a       235     0    15     1    11
  1.6334420361135102E+00 a       236     0    15     1    12
  2.4075066788305452E-01 a       237     0    15     1    13
  8.9661223128178247E-01 a       238     0    15     1    14
 -1.5266545778407470E-01 a       239     0    15     1    15
 -2.6570235733691820E+00 a       240     0    15     1    16
 -1.0509641323806927E-01 a       241     0    16     1     1
  6.6167221940075316E-01 a       242     0    16     1     2
 -5.7522896902438725E-01 a       243     0    16     1     3
  1.1422164573849418E+00 a       244     0    16     1     4
  1.8741745867331592E+00 a       245     0    16     1     5
 -9.2981918137537600E-01 a       246     0    16     1     6
  2.2969114965050528E+00 a       247     0    16     1     7
  3.3840405524408186E+00 a       248     0    16     1     8
  3.1108515526940916E-01 a       249     0    16     1     9
 -1.2021836916174046E-01 a       250     0    16     1    10
  8.8367968065092561E-01 a       251     0    16     1    11
  3.8230830982101325E+00 a       252     0    16     1    12
  5.6683328158842938E-01 a       253     0    16     1    13
  1.4434877617989585E+00 a       254     0    16     1    14
  7.6251889925331551E-01 a       255     0    16     1    15
 -1.4752708875890506E+00 a       256     0    16     1    16
 -2.8663001994525197E+00 a       257     0    17     1     1
  2.1951301261725287E+00 a       258     0    17     1     2
 -2.3210368010273799E+00 a       259     0    17     1     3
  2.5647701507150980E+00 a       260     0    17     1     4
  6.9567710487226625E-02 a       261     0    17     1     5
  3.2659697774045232E-01 a       262     0    17     1     6
 -1.2563199319064522E+00 a       263     0    17     1     7
  1.8571952160673797E+00 a       264     0    17     1     8
  2.2276359978436893E+00 a       265     0    17     1     9
  1.9550151425368019E+00 a       266     0    17     1    10
 -3.1786762461135842E-01 a       267     0    17     1    11
  8.4305888306547405E-01 a       268     0    17     1    12
  1.4822585090585885E+00 a       269     0    17     1    13
  2.5461717056967066E+00 a       270     0    17     1    14
 -8.1450766315519141E-01 a       271     0    17     1    15
 -8.0009723136940780E-01 a       272     0    17     1    16
 -8.4017752310254701E-01 a       273     0    18     1     1
 -2.1305843650707565E+00 a       274     0    18     1     2
 -1.0252396645147324E+00 a       275     0    18     1     3
 -5.4067336350416473E-01 a       276     0    18     1     4
  1.3848291743394558E+00 a       277     0    18     1     5
  1.4609910684113898E+00 a       278     0    18     1     6
 -2.3686611005080325E+00 a       279     0    18     1     7
  8.4189890374492315E-01 a       280     0    18     1     8
 -6.1110591564865713E-01 a       281     0    18     1     9
  2.3981330884941072E+00 a       282     0    18     1    10
 -1.7915065793067331E+00 a       283     0    18     1    11
 -2.2325161752733478E+00 a       284     0    18     1    12
 -2.7097264368011353E-01 a       285     0    18     1    13
 -6.5722995831792252E-02 a       286     0    18     1    14
 -5.2214865451781678E-01 a       287     0    18     1    15
  3.1037290527727186E+00 a       288     0    18     1    16
 -4.8869278019820381E+00 a       289     0    19     1     1
  3.0461710625036029E+00 a       290     0    19     1     2
 -1.3362069563097004E-01 a       291     0    19     1     3
 -2.1793155688273043E+00 a       292     0    19     1     4
 -4.0248229019996957E+00 a       293     0    19     1     5
  3.2828001730890111E+00 a       294     0    19     1     6
  5.8438795051799381E+00 a       295     0    19     1     7
 -2.3541191017306500E+00 a       296     0    19     1     8
  3.0482494115489396E+00 a       297     0    19     1     9
  1.9564191189808944E+00 a       298     0    19     1    10
  3.8609046074001880E+00 a       299     0    19     1    11
 -7.2681549185697856E+00 a       300     0    19     1    12
 -3.7816993326683259E+00 a       301     0    19     1    13
 -7.8147375184840639E-01 a       302     0    19     1    14
 -7.5602278292249658E-01 a       303     0    19     1    15
 -6.3070984480110936E-01 a       304     0    19     1    16
  2.5524485047913092E+00 a       305     0    20     1     1
 -1.2224925064718815E+00 a       306     0    20     1     2
  5.4678291835716231E-01 a       307     0    20     1     3
  6.0270242627628590E-01 a       308     0    20     1     4
 -7.7358474605983241E-01 a       309     0    20     1     5
 -1.4257451917860071E+00 a       310     0    20     1     6
  3.9568875091956617E+00 a       311     0    20     1     7
  1.0961134028692017E+00 a       312     0    20     1     8
  6.6289453256040709E-01 a       313     0    20     1     9
 -1.7361708009673330E-01 a       314     0    20     1    10
  5.1883573325133725E-01 a       315     0    20     1    11
 -2.3210583825393312E+00 a       316     0    20     1    12
 -2.8399087387456237E+00 a       317     0    20     1    13
 -1.2468962704370203E+00 a       318     0    20     1    14
  3.3525821130906714E+00 a       319     0    20     1    15
  4.2268344115947248E-01 a       320     0    20     1    16
 -5.3920774529620341E-01 a       321     0    21     1     1
 -1.0646987559548422E+00 a       322     0    21     1     2
  4.9602085575336680E-01 a       323     0    21     1     3
 -1.9045669238700974E-01 a       324     0    21     1     4
 -8.2084946215082644E-01 a       325     0    21     1     5
  3.1792400505732195E+00 a       326     0    21     1     6
 -2.7242656923733262E+00 a       327     0    21     1     7
  1.7685305804561178E+00 a       328     0    21     1     8
 -4.2445684264923722E-01 a       329     0    21     1     9
  8.9090547387975316E-01 a       330     0    21     1    10
  1.0368230865348131E+00 a       331     0    21     1    11
 -3.9586915131568792E+00 a       332     0    21     1    12
 -1.3643321770143606E+00 a       333     0    21     1    13
  9.1676856760629852E-03 a       334     0    21     1    14
 -4.1579909679246019E-01 a       335     0    21     1    15
  9.7318577244955595E-01 a       336     0    21     1    16
  1.8550235845499328E+00 a       337     0    22     1     1
  7.9734061625216707E-02 a       338     0    22     1     2
  4.5486262834024727E+00 a       339     0    22     1     3
 -1.0508147207888756E+00 a       340     0    22     1     4
 -3.8525828223231523E-01 a       341     0    22     1     5
 -2.9134460868604921E+00 a       342     0    22     1     6
  1.7815786649229883E+00 a       343     0    22     1     7
 -2.8386849695335297E+00 a       344     0    22     1     8
  1.1222320387477962E+00 a       345     0    22     1     9
 -3.2648612039195570E+00 a       346     0    22     1    10
  4.5726194791013661E+00 a       347     0    22     1    11
  4.7103149756065310E-01 a       348     0    22     1    12
  1.7670854112128696E+00 a       349     0    22     1    13
 -9.0168087327407753E-01 a       350     0    22     1    14
  2.3721917735894187E+00 a       351     0    22     1    15
 -1.2194101085060001E+00 a       352     0    22     1    16
  1.3869034267275335E+00 a       353     0    23     1     1
 -1.2113572483861891E-01 a       354     0    23     1     2
  3.5491570351629109E-01 a       355     0    23     1     3
 -1.7395302250992148E+00 a       356     0    23     1     4
 -2.0712769129949424E+00 a       357     0    23     1     5
  1.1763322650387780E+00 a       358     0    23     1     6
 -1.0867430466365091E+00 a       359     0    23     1     7
 -1.8777834694324504E+00 a       360     0    23     1     8
 -3.1693154355697645E-01 a       361     0    23     1     9
 -1.9464288474727349E+00 a       362     0    23     1    10
 -3.3159321462331492E+00 a       363     0    23     1    11
  5.5493318540471637E-01 a       364     0    23     1    12
  3.6555126844316708E+00 a       365     0    23     1    13
 -1.1045438954221929E+00 a       366     0    23     1    14
  5.5924219090189631E-01 a       367     0    23     1    15
 -1.0306010705869211E+00 a       368     0    23     1    16
  1.9219571163940503E+00 a       369     0    24     1     1
  6.7277519708429684E-02 a       370     0    24     1     2
  2.5420534141924929E+00 a       371     0    24     1     3
  4.8252172768784547E+00 a       372     0    24     1     4
  1.7622840828867803E-01 a       373     0    24     1     5
  3.2112861483749908E+00 a       374     0    24     1     6
  6.0961999878854567E-01 a       375     0    24     1     7
  1.0063282303873922E+00 a       376     0    24     1     8
  1.5044339355763383E+00 a       377     0    24     1     9
  3.1346779287666888E+00 a       378     0    24     1    10
 -5.2640257351027397E+00 a       379     0    24     1    11
  4.2645694642373488E-01 a       380     0    24     1    12
  1.4488558360155781E+00 a       381     0    24     1    13
  1.2397330415861778E+00 a       382     0    24     1    14
  2.1093021858916381E+00 a       383     0    24     1    15
 -8.4454592940664852E-01 a       384     0    24     1    16
 -2.2560192219872449E-01 a       385     0    25     1     1
  1.3948145655060327E+00 a       386     0    25     1     2
 -1.8344760564339673E+00 a       387     0    25     1     3
  5.4952008298060164E+00 a       388     0    25     1     4
 -1.7619957312099654E+00 a       389     0    25     1     5
  3.2551240895381208E+00 a       390     0    25     1     6
 -3.1949735669402548E+00 a       391     0    25     1     7
  7.8601825382976764E-01 a       392     0    25     1     8
  2.0570007737465743E+00 a       393     0    25     1     9
  9.2582888225124660E-01 a       394     0    25     1    10
 -3.7892974058985898E+00 a       395     0    25     1    11
 -2.0994347389842183E+00 a       396     0    25     1    12
  2.2802495773625071E+00 a       397     0    25     1    13
  1.0788654375684761E+00 a       398     0    25     1    14
  7.6477075553269924E-01 a       399     0    25     1    15
  9.7997638773604079E-01 a       400     0    25     1    16
  1.0692089279984602E+00 a       401     0    26     1     1
  2.8242682239166017E-01 a       402     0    26     1     2
  3.6493415238590854E-01 a       403     0    26     1     3
  1.8391982003886980E+00 a       404     0    26     1     4
  6.5980226222269545E-01 a       405     0    26     1     5
  4.3328431861355092E+00 a       406     0    26     1     6
  1.5575945027126941E+00 a       407     0    26     1     7
  3.2407395905935448E+00 a       408     0    26     1     8
  1.8235639871536349E+00 a       409     0    26     1     9
 -2.9105803359398419E-01 a       410     0    26     1    10
  2.0620516210318525E+00 a       411     0    26     1    11
  1.4916945301271647E+00 a       412     0    26     1    12
 -6.5749433207113017E-01 a       413     0    26     1    13
 -8.3406719194576129E-01 a       414     0    26     1    14
  8.0359016145633166E-01 a       415     0    26     1    15
  1.1319571167772216E+00 a       416     0    26     1    16
 -1.8439531618782847E+00 a       417     0    27     1     1
 -6.3211382373830749E-01 a       418     0    27     1     2
  1.4840615323776916E+00 a       419     0    27     1     3
 -6.9431714820225769E+00 a       420     0    27     1     4
 -6.7713242269895013E-01 a       421     0    27     1     5
 -1.8240565673766571E+00 a       422     0    27     1     6
 -5.3519912676153787E+00 a       423     0    27     1     7
 -1.2820742158401957E+00 a       424     0    27     1     8
 -1.4188020646730910E+00 a       425     0    27     1     9
 -4.3689261487646478E+00 a       426     0    27     1    10
  2.5605609130489793E+00 a       427     0    27     1    11
 -5.6632320740964293E-01 a       428     0    27     1    12
  1.1156603659941762E+00 a       429     0    27     1    13
 -2.3549280269465283E+00 a       430     0    27     1    14
  2.8870726711503436E-01 a       431     0    27     1    15
  9.7382526857866403E-01 a       432     0    27     1    16
  1.9556046189680525E+00 a       433     0    28     1     1
 -1.7110651628257987E+00 a       434     0    28     1     2
  9.2804146821978462E-01 a       435     0    28     1     3
 -6.4844800253642694E+00 a       436     0    28     1     4
  1.3124562877545678E+00 a       437     0    28     1     5
  1.8904805127075781E+00 a       438     0    28     1     6
  1.1611566956870902E+00 a       439     0    28     1     7
  7.1160854841963839E-01 a       440     0    28     1     8
 -3.5071855261324725E+00 a       441     0    28     1     9
 -2.7390327508086258E+00 a       442     0    28     1    10
  3.9435605695726106E-01 a       443     0    28     1    11
  1.5079230710634157E+00 a       444     0    28     1    12
 -6.9225624878818248E-01 a       445     0    28     1    13
 -3.8256694197672778E+00 a       446     0    28     1    14
 -2.3509570983620562E-01 a       447     0    28     1    15
  7.9021232428809718E-01 a       448     0    28     1    16
  3.5920854737252537E+00 a       449     0    29     1     1
  1.2998758837133111E+00 a       450     0    29     1     2
  1.7685972199320943E+00 a       451     0    29     1     3
  5.8366369000758345E-01 a       452     0    29     1     4
 -3.3623663869023379E-01 a       453     0    29     1     5
 -3.0607293910101951E+00 a       454     0    29     1     6
  3.1943110001672275E+00 a       455     0    29     1     7
 -1.5681512805423747E-01 a       456     0    29     1     8
  1.5185608032718065E+00 a       457     0    29     1     9
 -2.3471670439321365E-01 a       458     0    29     1    10
  6.5127000626157039E-01 a       459     0    29     1    11
  2.0980468638881047E-01 a       460     0    29     1    12
 -3.2235358525987907E+00 a       461     0    29     1    13
  6.2001325123782813E-01 a       462     0    29     1    14
 -1.0511054371773516E+00 a       463     0    29     1    15
 -2.3677688582111847E+00 a       464     0    29     1    16
 -1.4578543699530466E+00 a       465     0    30     1     1
 -7.6873791449064441E+00 a       466     0    30     1     2
 -7.2156035927881956E-01 a       467     0    30     1     3
  7.5899388104839121E+00 a       468     0    30     1     4
 -3.8668676893968406E+00 a       469     0    30     1     5
 -6.4145166573991563E-01 a       470     0    30     1     6
 -4.2437219838144289E+00 a       471     0    30     1     7
 -3.5821920294519760E+00 a       472     0    30     1     8
  5.2916552294220445E+00 a       473     0    30     1     9
 -7.9866476643382098E+00 a       474     0    30     1    10
  6.8538144209293739E+00 a       475     0    30     1    11
 -1.9537410436999751E+00 a       476     0    30     1    12
  1.1009427020305800E+01 a       477     0    30     1    13
 -5.7825019540330347E+00 a       478     0    30     1    14
  1.1464709518801399E+00 a       479     0    30     1    15
 -3.3728448670860849E+00 a       480     0    30     1    16
  3.2821224948341177E-01 a       481     0    31     1     1
 -1.9841955505903863E-01 a       482     0    31     1     2
 -7.9910113881789457E-01 a       483     0    31     1     3
  1.2473995090724260E-02 a       484     0    31     1     4
 -4.1859190993316608E-01 a       485     0    31     1     5
 -1.3927203663225356E+00 a       486     0    31     1     6
 -2.6702840195696648E-01 a       487     0    31     1     7
  9.7200274954576626E-01 a       488     0    31     1     8
  1.2978612444388413E+00 a       489     0    31     1     9
  9.6766622777322475E-01 a       490     0    31     1    10
 -9.6403317422677180E-03 a       491     0    31     1    11
  2.5181104312769420E-01 a       492     0    31     1    12
  4.5128427183934332E-02 a       493     0    31     1    13
  1.2562442835638561E+00 a       494     0    31     1    14
  1.2235563099822415E+00 a       495     0    31     1    15
  4.0387665125702403E-02 a       496     0    31     1    16
  2.3009045957703886E+00 a       497     0    32     1     1
 -1.2673301812925220E+00 a       498     0    32     1     2
  2.5373755784495611E-01 a       499     0    32     1     3
  2.2781297534597032E-02 a       500     0    32     1     4
 -5.9175811505888398E-01 a       501     0    32     1     5
 -1.4909036032283884E+00 a       502     0    32     1     6
 -5.6094167062524292E-01 a       503     0    32     1     7
  4.9208448433522195E-01 a       504     0    32     1     8
 -1.7886667196138176E-01 a       505     0    32     1     9
 -9.1002220838154457E-01 a       506     0    32     1    10
  5.3986666473490774E-01 a       507     0    32     1    11
  5.5822612494955426E-01 a       508     0    32     1    12
  9.9608381016600367E-01 a       509     0    32     1    13
 -1.1970321369759445E+00 a       510     0    32     1    14
  5.0771953461374930E-01 a       511     0    32     1    15
  5.3999595507398834E-01 a       512     0    32     1    16
  1.0144665188852904E+00 a       513     0    33     1     1
 -1.7336150050709456E+00 a       514     0    33     1     2
 -1.8431543841219963E-01 a       515     0    33     1     3
  2.2724917894449756E-01 a       516     0    33     1     4
 -5.3457328002616622E-01 a       517     0    33     1     5
 -1.7468004552370855E-01 a       518     0    33     1     6
 -6.9252281543582062E-01 a       519     0    33     1     7
 -1.0517251475991085E+00 a       520     0    33     1     8
 -8.2779786296271451E-01 a       521     0    33     1     9
 -1.9154343239220146E+00 a       522     0    33     1    10
 -2.9869520684953201E+00 a       523     0    33     1    11
 -1.5691668509693308E+00 a       524     0    33     1    12
 -1.1158462024911382E+00 a       525     0    33     1    13
 -6.9373123787358970E-01 a       526     0    33     1    14
  6.8729255061589212E-01 a       527     0    33     1    15
  8.0194303580048143E-01 a       528     0    33     1    16
 -9.4504331725430402E-01 a       529     0    34     1     1
  1.4536706633832769E-02 a       530     0    34     1     2
  8.2032524059813305E-01 a       531     0    34     1     3
 -9.2885451699464205E-01 a       532     0    34     1     4
  1.4105156774975924E+00 a       533     0    34     1     5
 -2.8249381218228216E+00 a       534     0    34     1     6
  3.8972663628589657E-02 a       535     0    34     1     7
 -1.3500577735121102E+00 a       536     0    34     1     8
 -1.0507131216817407E+00 a       537     0    34     1     9
  1.0417314336935384E+00 a       538     0    34     1    10
 -5.8170480912589817E-01 a       539     0    34     1    11
 -1.7997565141696572E+00 a       540     0    34     1    12
  1.1649824290640952E-01 a       541     0    34     1    13
  1.7075558724181177E+00 a       542     0    34     1    14
  5.7865807648656442E-01 a       543     0    34     1    15
 -1.2548907787193551E+00 a       544     0    34     1    16
 -8.7943016173967825E-01 a       545     0    35     1     1
  7.5985415200027651E-01 a       546     0    35     1     2
 -4.0804458870558213E-01 a       547     0    35     1     3
  2.3760417426120828E+00 a       548     0    35     1     4
 -7.7990193522930829E-01 a       549     0    35     1     5
  8.2145771549739377E-01 a       550     0    35     1     6
  1.8523761632845878E-01 a       551     0    35     1     7
  5.0810135567913683E-01 a       552     0    35     1     8
  7.3869810343519748E-01 a       553     0    35     1     9
  6.8792383228151666E-01 a       554     0    35     1    10
 -8.2817140068661443E-01 a       555     0    35     1    11
  2.9379269733916208E-01 a       556     0    35     1    12
 -6.6628094196947163E-01 a       557     0    35     1    13
  9.6712451326820936E-01 a       558     0    35     1    14
 -6.1563882688207627E-01 a       559     0    35     1    15
  2.7699529067549440E+00 a       560     0    35     1    16
  1.3749998904598173E+00 a       561     0    36     1     1
 -6.8377879370796146E-01 a       562     0    36     1     2
  3.6995512720790918E-01 a       563     0    36     1     3
  1.1852429339586390E+00 a       564     0    36     1     4
 -9.5245870340730987E-01 a       565     0    36     1     5
  2.3698051670635474E+00 a       566     0    36     1     6
 -9.2076787849230513E-02 a       567     0    36     1     7
  1.3167412021447328E-01 a       568     0    36     1     8
  1.0259992672133607E+00 a       569     0    36     1     9
 -1.3941267933801362E+00 a       570     0    36     1    10
  6.9642303364231602E-03 a       571     0    36     1    11
  1.7497518585451888E+00 a       572     0    36     1    12
  2.0085391142953973E-01 a       573     0    36     1    13
  4.7166543018973017E-01 a       574     0    36     1    14
 -1.5281470673543686E-02 a       575     0    36     1    15
 -7.4073423867268373E-01 a       576     0    36     1    16
  2.5662833173747779E+00 a       577     0    37     1     1
 -1.4984589599127025E+00 a       578     0    37     1     2
  1.0813062013645154E+00 a       579     0    37     1     3
  1.3112269364832956E+00 a       580     0    37     1     4
  7.1913457994634811E-01 a       581     0    37     1     5
 -1.4801021360434514E+00 a       582     0    37     1     6
 -1.0950181917781925E+00 a       583     0    37     1     7
 -2.8510985504100868E+00 a       584     0    37     1     8
 -1.9391719290245992E+00 a       585     0    37     1     9
 -3.4753569319812638E-01 a       586     0    37     1    10
 -2.5704179849358870E+00 a       587     0    37     1    11
 -1.4906996988506751E+00 a       588     0    37     1    12
  9.3792017653919479E-01 a       589     0    37     1    13
 -5.4721410114269018E+00 a       590     0    37     1    14
 -2.4711731418811622E-01 a       591     0    37     1    15
  6.1360906525358494E-01 a       592     0    37     1    16
 -1.9847705757867673E+00 a       593     0    38     1     1
 -2.3716200570295158E+00 a       594     0    38     1     2
 -2.2385145757849449E+00 a       595     0    38     1     3
  8.6946242879817048E-01 a       596     0    38     1     4
  3.4381766767185462E-01 a       597     0    38     1     5
 -2.7660443108163184E+00 a       598     0    38     1     6
 -2.4084094111854077E+00 a       599     0    38     1     7
  3.4086115043106269E-01 a       600     0    38     1     8
  2.8638225228087477E-01 a       601     0    38     1     9
 -1.2631450133828779E+00 a       602     0    38     1    10
  6.7372764120447415E-01 a       603     0    38     1    11
 -2.6293467146455285E+00 a       604     0    38     1    12
 -1.4824299865076682E+00 a       605     0    38     1    13
 -8.3933908086443243E-01 a       606     0    38     1    14
 -4.7892195369500112E-01 a       607     0    38     1    15
  3.7947724528783539E-01 a       608     0    38     1    16
 -3.3394761931420649E+00 a       609     0    39     1     1
 -1.0766943877453039E+00 a       610     0    39     1     2
  3.2479374698480623E-01 a       611     0    39     1     3
 -4.5685347272593402E-01 a       612     0    39     1     4
  8.7575303028502260E-01 a       613     0    39     1     5
 -2.6615400052909637E+00 a       614     0    39     1     6
  3.0318046366969043E+00 a       615     0    39     1     7
 -1.4769955862428910E+00 a       616     0    39     1     8
  3.9495808497380064E-01 a       617     0    39     1     9
  7.4711204535282938E-01 a       618     0    39     1    10
  4.4579654967116361E-01 a       619     0    39     1    11
 -3.1356676120907565E+00 a       620     0    39     1    12
 -4.0196630110636287E+00 a       621     0    39     1    13
 -1.3063330137501044E+00 a       622     0    39     1    14
  2.3893769722885394E-01 a       623     0    39     1    15
  2.0162184462983408E+00 a       624     0    39     1    16
 -5.0595683918172254E+00 a       625     0    40     1     1
 -6.6954476713571509E+00 a       626     0    40     1     2
  3.7060436126457432E+00 a       627     0    40     1     3
 -7.3476541206787294E-01 a       628     0    40     1     4
  3.9567133272643886E+00 a       629     0    40     1     5
  1.2807397736221349E+00 a       630     0    40     1     6
 -3.8858696122348433E+00 a       631     0    40     1     7
  3.0788039832316816E+00 a       632     0    40     1     8
 -1.2265182205139520E+00 a       633     0    40     1     9
 -3.0893252608314929E+00 a       634     0    40     1    10
  2.9398107661229020E+00 a       635     0    40     1    11
 -4.5825064473097505E+00 a       636     0    40     1    12
 -1.0548556444114969E+00 a       637     0    40     1    13
 -1.8474649198146740E+00 a       638     0    40     1    14
  2.0849176134222225E-01 a       639     0    40     1    15
 -4.1606822398514902E+00 a       640     0    40     1    16
 -3.1029403150862569E+00 a       641     0    41     1     1
 -2.6348962060663346E+00 a       642     0    41     1     2
  2.1683325928799668E+00 a       643     0    41     1     3
 -2.5334352552885203E-01 a       644     0    41     1     4
  2.9174070648841552E+00 a       645     0    41     1     5
  3.3480416142590619E-01 a       646     0    41     1     6
  1.4219344102389291E+00 a       647     0    41     1     7
  5.2983466864967876E-01 a       648     0    41     1     8
 -1.5137771425509270E+00 a       649     0    41     1     9
 -5.7772020769263233E-01 a       650     0    41     1    10
  5.3297277079317578E+00 a       651     0    41     1    11
 -1.3445579926152282E+00 a       652     0    41     1    12
 -2.1811862118787195E-01 a       653     0    41     1    13
  3.9420852049500998E-01 a       654     0    41     1    14
  4.8734447115105833E-01 a       655     0    41     1    15
 -2.1082961878742923E+00 a       656     0    41     1    16
  8.8929499782174148E-01 a       657     0    42     1     1
  1.3625809715917896E+00 a       658     0    42     1     2
  1.8869717542970235E+00 a       659     0    42     1     3
 -1.8702968625971581E+00 a       660     0    42     1     4
 -2.2813838830284277E+00 a       661     0    42     1     5
  2.0375780948016038E+00 a       662     0    42     1     6
 -1.9380777857758882E+00 a       663     0    42     1     7
  7.0218249374097985E-01 a       664     0    42     1     8
  1.6705115784642730E+00 a       665     0    42     1     9
  1.9960252429644243E+00 a       666     0    42     1    10
  2.3887726342956070E+00 a       667     0    42     1    11
 -3.5346453111943883E+00 a       668     0    42     1    12
  4.0505091528570771E+00 a       669     0    42     1    13
 -7.4258771843325311E-01 a       670     0    42     1    14
  2.7003348677800103E+00 a       671     0    42     1    15
 -5.2484166535445165E-01 a       672     0    42     1    16
 -9.3282518831981176E-01 a       673     0    43     1     1
  2.4825476356151372E+00 a       674     0    43     1     2
  1.6516128724665404E+00 a       675     0    43     1     3
 -7.2756818502511122E-01 a       676     0    43     1     4
  7.5384241410319530E-01 a       677     0    43     1     5
  2.4032493643999349E+00 a       678     0    43     1     6
  1.9947059658895364E-01 a       679     0    43     1     7
  1.4769081248901985E+00 a       680     0    43     1     8
 -1.7219286192165448E+00 a       681     0    43     1     9
  9.2721853292401146E-01 a       682     0    43     1    10
 -7.6911748943999514E-01 a       683     0    43     1    11
 -1.1743399619807518E-01 a       684     0    43     1    12
  3.5532974265470202E-01 a       685     0    43     1    13
  4.4741825285547948E-01 a       686     0    43     1    14
  3.0627429423090358E-01 a       687     0    43     1    15
  1.2370552761569622E+00 a       688     0    43     1    16
  1.0624352783430762E+01 a       689     0    44     1     1
  1.1040031801017558E+00 a       690     0    44     1     2
 -6.7846078608018645E-01 a       691     0    44     1     3
  2.9314201709865721E+00 a       692     0    44     1     4
 -7.2693958050074627E+00 a       693     0    44     1     5
 -7.9519133944601772E-01 a       694     0    44     1     6
 -4.2387095243091029E+00 a       695     0    44     1     7
 -3.6970811208728382E+00 a       696     0    44     1     8
 -3.5860378159280648E+00 a       697     0    44     1     9
  2.5798491742794418E+00 a       698     0    44     1    10
 -2.4236457671093445E+00 a       699     0    44     1    11
 -1.1951921342588609E+00 a       700     0    44     1    12
  4.2170520237178053E+00 a       701     0    44     1    13
 -4.9649016898924658E-01 a       702     0    44     1    14
 -4.7902461041286362E+00 a       703     0    44     1    15
  2.0648746730522638E+00 a       704     0    44     1    16
 -8.5445466259062564E-01 a       705     0    45     1     1
  4.6996014208502466E+00 a       706     0    45     1     2
  9.4423679091733242E-02 a       707     0    45     1     3
  1.2082536698282405E+00 a       708     0    45     1     4
 -2.2625469758272558E+00 a       709     0    45     1     5
  4.0883164693497964E-01 a       710     0    45     1     6
  2.8921640759134826E-01 a       711     0    45     1     7
 -1.5302322472170917E+00 a       712     0    45     1     8
  1.1521058635405519E+00 a       713     0    45     1     9
  4.4798523645062156E+00 a       714     0    45     1    10
 -3.2893604701754069E+00 a       715     0    45     1    11
  3.4168433727509546E+00 a       716     0    45     1    12
 -2.8755380076618842E+00 a       717     0    45     1    13
  3.4727768052517720E+00 a       718     0    45     1    14
 -3.1535406980008100E+00 a       719     0    45     1    15
  4.5417043925083539E-01 a       720     0    45     1    16
  2.5069552892026521E+00 a       721     0    46     1     1
  1.7111997582141363E+00 a       722     0    46     1     2
 -3.6373662436689198E+00 a       723     0    46     1     3
  5.3326069448109137E-02 a       724     0    46     1     4
 -2.7993329547796457E+00 a       725     0    46     1     5
 -3.3450649900661436E+00 a       726     0    46     1     6
 -1.9762370472002915E+00 a       727     0    46     1     7
 -1.0222671209718182E+00 a       728     0    46     1     8
  5.7374780006494930E-01 a       729     0    46     1     9
 -1.6771331875678708E+00 a       730     0    46     1    10
 -8.2996085228396304E+00 a       731     0    46     1    11
  2.7228631345073513E+00 a       732     0    46     1    12
  3.1629952835553887E-01 a       733     0    46     1    13
 -3.2184819374474558E+00 a       734     0    46     1    14
 -2.4325402609954891E+00 a       735     0    46     1    15
  2.6711687686161900E+00 a       736     0    46     1    16
 -7.7091631604092570E-01 a       737     0    47     1     1
 -3.9522625456855875E-01 a       738     0    47     1     2
  6.1659980998368216E+00 a       739     0    47     1     3
  1.7146245675823448E+00 a       740     0    47     1     4
  1.9019869667564826E+00 a       741     0    47     1     5
 -4.7604110097957513E+00 a       742     0    47     1     6
  2.7751118408552315E+00 a       743     0    47     1     7
 -1.5791008725234732E+00 a       744     0    47     1     8
  4.0557187511041803E+00 a       745     0    47     1     9
 -6.9673247102634095E+00 a       746     0    47     1    10
 -1.1349885838129388E+00 a       747     0    47     1    11
 -7.4719878254339567E-04 a       748     0    47     1    12
 -1.6013955076494428E+00 a       749     0    47     1    13
  8.4687624091636025E+00 a       750     0    47     1    14
 -1.2422960626935473E+00 a       751     0    47     1    15
  6.0189020701894149E+00 a       752     0    47     1    16
 -6.9394862771519836E+00 a       753     0    48     1     1
  4.0058753101328826E+00 a       754     0    48     1     2
  5.7150877949812777E+00 a       755     0    48     1     3
  1.2118721249333744E+00 a       756     0    48     1     4
  1.3154278536229216E+00 a       757     0    48     1     5
  2.2287465679851786E+00 a       758     0    48     1     6
  2.0932336280310668E+00 a       759     0    48     1     7
  4.1416460886307975E+00 a       760     0    48     1     8
  2.6374106905653658E+00 a       761     0    48     1     9
  1.0117783143520562E+01 a       762     0    48     1    10
  7.5324673965330451E+00 a       763     0    48     1    11
 -3.7740765539164478E+00 a       764     0    48     1    12
 -3.0711044260451685E+00 a       765     0    48     1    13
 -7.8278123326038951E-01 a       766     0    48     1    14
  2.8376122753881111E-01 a       767     0    48     1    15
  2.4166138273070223E+00 a       768     0    48     1    16
 -1.3888880733154643E-01 a       769     0    49     1     1
 -2.0755489020948898E+00 a       770     0    49     1     2
 -1.5694782360643040E+00 a       771     0    49     1     3
  1.0160529103989946E+00 a       772     0    49     1     4
  5.3482259485148909E-01 a       773     0    49     1     5
  1.5451541275065765E+00 a       774     0    49     1     6
 -2.2016631718270738E-01 a       775     0    49     1     7
  1.5545759839989777E+00 a       776     0    49     1     8
  1.7764335182721671E+00 a       777     0    49     1     9
 -2.0297169879720247E+00 a       778     0    49     1    10
  1.7033333617578428E+00 a       779     0    49     1    11
  1.0117113281772869E+00 a       780     0    49     1    12
 -1.9838929697666770E+00 a       781     0    49     1    13
  9.4342240837543756E-01 a       782     0    49     1    14
  9.9733340762448197E-01 a       783     0    49     1    15
  2.6229505452581726E-02 a       784     0    49     1    16
  1.9015030170866576E-01 a       785     0    50     1     1
 -1.6684182666569141E+00 a       786     0    50     1     2
  6.5154492351312399E-01 a       787     0    50     1     3
 -1.8389205087027061E-01 a       788     0    50     1     4
  5.6996877681494390E-02 a       789     0    50     1     5
  2.4388304963004042E+00 a       790     0    50     1     6
 -1.0144414739545462E-02 a       791     0    50     1     7
  4.2274845409214018E-01 a       792     0    50     1     8
 -3.4812166545694821E-02 a       793     0    50     1     9
 -1.7048998176268113E+00 a       794     0    50     1    10
 -2.8544221296464689E-01 a       795     0    50     1    11
  1.5184868528617562E-02 a       796     0    50     1    12
 -4.6213129036574391E-01 a       797     0    50     1    13
 -5.0280624579840139E-01 a       798     0    50     1    14
 -3.9272629832799577E-01 a       799     0    50     1    15
  1.7030539172249781E-01 a       800     0    50     1    16
 -8.2590021600716446E-01 a       801     0    51     1     1
 -6.2385071513025381E-01 a       802     0    51     1     2
 -1.8870442721124445E-01 a       803     0    51     1     3
  7.7569147692794749E-01 a       804     0    51     1     4
  5.7571750188188231E-01 a       805     0    51     1     5
  1.7082858440454451E+00 a       806     0    51     1     6
  3.0751706071537521E-01 a       807     0    51     1     7
  1.4605885245297670E+00 a       808     0    51     1     8
  1.1718435353116978E+00 a       809     0    51     1     9
 -1.1749610057761553E+00 a       810     0    51     1    10
  5.2532292662979674E-01 a       811     0    51     1    11
  6.1908930291406816E-01 a       812     0    51     1    12
 -4.8195254683348310E-01 a       813     0    51     1    13
  9.4900282288586246E-01 a       814     0    51     1    14
  7.0249917758503588E-01 a       815     0    51     1    15
  1.7035234007988453E-01 a       816     0    51     1    16
  4.3224773622334549E+00 a       817     0    52     1     1
 -3.4063907009040042E+00 a       818     0    52     1     2
 -2.7314353771369873E+00 a       819     0    52     1     3
  6.1935380427697151E-01 a       820     0    52     1     4
  3.3741777861271871E-01 a       821     0    52     1     5
 -2.2666404924177601E+00 a       822     0    52     1     6
 -1.8067841402854795E-01 a       823     0    52     1     7
 -2.5321476211499627E+00 a       824     0    52     1     8
 -1.4998271667471004E+00 a       825     0    52     1     9
 -4.1375348485341723E+00 a       826     0    52     1    10
 -3.3320418119701678E+00 a       827     0    52     1    11
  1.0343570065926784E+00 a       828     0    52     1    12
  4.8251722896452237E-01 a       829     0    52     1    13
  1.7234374948158120E+00 a       830     0    52     1    14
  1.8855817409230430E-01 a       831     0    52     1    15
  3.2055227913881668E+00 a       832     0    52     1    16
 -1.5036511641365982E+00 a       833     0    53     1     1
  9.9314238190645288E-01 a       834     0    53     1     2
  8.5426916388552890E-02 a       835     0    53     1     3
 -7.4567055214894251E-01 a       836     0    53     1     4
  3.0321912772192805E-01 a       837     0    53     1     5
  2.3974772717625576E+00 a       838     0    53     1     6
  1.7557288119953605E+00 a       839     0    53     1     7
  1.5621289791587589E+00 a       840     0    53     1     8
 -3.8331193724133463E+00 a       841     0    53     1     9
 -5.1953573720197790E+00 a       842     0    53     1    10
  2.0449166212363066E+00 a       843     0    53     1    11
  2.8506842884849171E+00 a       844     0    53     1    12
 -2.3293436936981200E+00 a       845     0    53     1    13
  1.7554897779735090E+00 a       846     0    53     1    14
  7.0701726722715896E-01 a       847     0    53     1    15
  2.2105162279854480E+00 a       848     0    53     1    16
 -5.5502558834556810E+00 a       849     0    54     1     1
  2.5582186850662296E+00 a       850     0    54     1     2
 -5.2736037551183506E+00 a       851     0    54     1     3
 -1.5338433174572970E+00 a       852     0    54     1     4
  1.5944612178557995E+00 a       853     0    54     1     5
  1.7344233162483691E-01 a       854     0    54     1     6
  1.1128223278438905E+00 a       855     0    54     1     7
 -2.3541682569217875E-01 a       856     0    54     1     8
 -2.4100285733665286E-01 a       857     0    54     1     9
 -1.1598232719691706E+00 a       858     0    54     1    10
  3.0072738855724217E+00 a       859     0    54     1    11
  7.0239048545295846E-01 a       860     0    54     1    12
  2.4722025774121317E+00 a       861     0    54     1    13
  2.2156814146100627E+00 a       862     0    54     1    14
  1.9821612255419025E+00 a       863     0    54     1    15
 -2.4285929695479878E+00 a       864     0    54     1    16
 -2.7628539087787662E+00 a       865     0    55     1     1
  3.1680206345780615E+00 a       866     0    55     1     2
  4.3078433053123062E+00 a       867     0    55     1     3
 -2.8215119382422786E+00 a       868     0    55     1     4
  3.3195751524296413E-01 a       869     0    55     1     5
  6.3219422505149927E+00 a       870     0    55     1     6
 -2.0366634837457562E+00 a       871     0    55     1     7
 -2.3655144897476030E+00 a       872     0    55     1     8
  6.3827225604850335E-01 a       873     0    55     1     9
  6.0853003559427155E+00 a       874     0    55     1    10
 -1.3576300377824871E-01 a       875     0    55     1    11
 -5.8116445184617120E+00 a       876     0    55     1    12
 -4.9077770699668637E+00 a       877     0    55     1    13
 -1.9778502866064385E+00 a       878     0    55     1    14
 -2.6602033868719492E+00 a       879     0    55     1    15
 -2.3848176925384226E+00 a       880     0    55     1    16
 -1.0352378138018548E+00 a       881     0    56     1     1
  3.9082881967843237E+00 a       882     0    56     1     2
 -2.2923718504687307E+00 a       883     0    56     1     3
 -5.4761742628922745E+00 a       884     0    56     1     4
  7.5924679122580341E-01 a       885     0    56     1     5
  1.1627636080944048E+00 a       886     0    56     1     6
  9.5054973206802129E-01 a       887     0    56     1     7
 -3.8502025389536065E+00 a       888     0    56     1     8
 -5.0707951841825984E+00 a       889     0    56     1     9
  6.2042565066352129E+00 a       890     0    56     1    10
  1.4430295535052386E+00 a       891     0    56     1    11
 -3.3213486455538077E+00 a       892     0    56     1    12
  2.4198032409909280E+00 a       893     0    56     1    13
 -5.3924784750167341E+00 a       894     0    56     1    14
 -2.1941899010846213E+00 a       895     0    56     1    15
 -1.3106543430259364E+01 a       896     0    56     1    16
 -2.0919791757146835E+00 a       897     0    57     1     1
 -9.2055892291338137E-01 a       898     0    57     1     2
 -3.4714222225444518E+00 a       899     0    57     1     3
 -4.3037195220833206E+00 a       900     0    57     1     4
  2.7622229161245349E+00 a       901     0    57     1     5
 -3.7153622017128800E+00 a       902     0    57     1     6
  5.1783613796387122E+00 a       903     0    57     1     7
  1.7662223063045110E+00 a       904     0    57     1     8
 -2.5439566361470205E+00 a       905     0    57     1     9
 -4.0475020063465283E+00 a       906     0    57     1    10
  1.5279924855569658E+00 a       907     0    57     1    11
  1.1342730924170001E+00 a       908     0    57     1    12
 -1.1373381297141749E+00 a       909     0    57     1    13
  1.8648426720948916E+00 a       910     0    57     1    14
 -3.1394448905188881E+00 a       911     0    57     1    15
 -1.1974421900595820E+00 a       912     0    57     1    16
 -8.7489530319175812E-01 a       913     0    58     1     1
  1.1380750697716839E+00 a       914     0    58     1     2
  9.4923623009123359E-01 a       915     0    58     1     3
  2.1092642522657750E+00 a       916     0    58     1     4
  2.2207394458661014E+00 a       917     0    58     1     5
 -1.2032358350504389E+00 a       918     0    58     1     6
 -7.4836743737695655E-01 a       919     0    58     1     7
  1.9272876819155949E-01 a       920     0    58     1     8
 -5.7402398927086606E-01 a       921     0    58     1     9
  7.5410720641460194E-01 a       922     0    58     1    10
  1.5376070857516855E+00 a       923     0    58     1    11
  1.0170052157716891E+00 a       924     0    58     1    12
  2.0259854412612812E+00 a       925     0    58     1    13
 -4.0676332416921279E-01 a       926     0    58     1    14
  2.0313937327751255E+00 a       927     0    58     1    15
 -4.3136889676275523E+00 a       928     0    58     1    16
  1.9814897098787894E+00 a       929     0    59     1     1
 -2.0537869928537775E+00 a       930     0    59     1     2
 -1.0796837858025869E+00 a       931     0    59     1     3
 -4.6901510413270708E+00 a       932     0    59     1     4
  9.4321086720174718E-01 a       933     0    59     1     5
  1.0722405961976589E+00 a       934     0    59     1     6
 -2.4723584258613638E+00 a       935     0    59     1     7
  3.8767506678322805E-01 a       936     0    59     1     8
 -1.6939638387477443E-01 a       937     0    59     1     9
 -5.3953617531269655E+00 a       938     0    59     1    10
 -2.3609513137101672E+00 a       939     0    59     1    11
  2.9619463277971052E+00 a       940     0    59     1    12
  3.3929116900734750E+00 a       941     0    59     1    13
 -3.4453118792034574E+00 a       942     0    59     1    14
  1.1056527737616693E+00 a       943     0    59     1    15
 -1.3342700446847410E+01 a       944     0    59     1    16
  9.6944068288330576E-01 a       945     0    60     1     1
  1.7386502188837518E+00 a       946     0    60     1     2
  1.4134601693904392E-01 a       947     0    60     1     3
  2.2177882439242298E+00 a       948     0    60     1     4
  2.8307318975446166E-01 a       949     0    60     1     5
  9.5603110593011109E-01 a       950     0    60     1     6
 -3.4898838909365444E+00 a       951     0    60     1     7
 -1.0501620022586449E+00 a       952     0    60     1     8
  3.8581097257012251E+00 a       953     0    60     1     9
  5.5575173188935212E+00 a       954     0    60     1    10
 -2.3771002580195844E+00 a       955     0    60     1    11
  1.5078288505146324E+00 a       956     0    60     1    12
  6.2938602245350872E-01 a       957     0    60     1    13
  1.6647769290821430E+00 a       958     0    60     1    14
 -9.6281093125731909E-01 a       959     0    60     1    15
 -1.1561695108071008E+00 a       960     0    60     1    16
  2.7455025119873162E+00 a       961     0    61     1     1
 -9.9537682148770668E-01 a       962     0    61     1     2
  3.3299291916392904E-01 a       963     0    61     1     3
 -1.1241099721359940E+00 a       964     0    61     1     4
 -3.3829287058894641E-01 a       965     0    61     1     5
 -2.0092525559739075E-01 a       966     0    61     1     6
  1.0560877728509102E+00 a       967     0    61     1     7
 -1.5966044068974943E+00 a       968     0    61     1     8
  5.6386753242284215E-01 a       969     0    61     1     9
 -6.9640278070183681E-01 a       970     0    61     1    10
  9.9433971682511224E-02 a       971     0    61     1    11
  1.8500673662427451E+00 a       972     0    61     1    12
  1.1570417060026656E+00 a       973     0    61     1    13
 -4.8431621136277719E-01 a       974     0    61     1    14
 -7.7051153241132919E-01 a       975     0    61     1    15
 -1.8329686343637712E+00 a       976     0    61     1    16
 -6.7023548072087491E-01 a       977     0    62     1     1
 -2.8648135036288744E+00 a       978     0    62     1     2
  3.8005831361221678E+00 a       979     0    62     1     3
 -2.1823849692997483E+00 a       980     0    62     1     4
  3.4262281035891782E+00 a       981     0    62     1     5
  1.2554292891260821E+00 a       982     0    62     1     6
  2.3423731174758591E+00 a       983     0    62     1     7
  1.1937075130982151E+00 a       984     0    62     1     8
  1.4099853778102109E+00 a       985     0    62     1     9
 -3.7466787945752569E+00 a       986     0    62     1    10
 -2.3912892108939952E+00 a       987     0    62     1    11
  1.5089114765610718E+00 a       988     0    62     1    12
 -4.6841626702425945E+00 a       989     0    62     1    13
 -8.2372310364970769E-01 a       990     0    62     1    14
 -1.0964244011197126E+00 a       991     0    62     1    15
  2.1097864500103611E+00 a       992     0    62     1    16
  1.9203088896789200E+00 a       993     0    63     1     1
 -2.8923605273092088E+00 a       994     0    63     1     2
 -3.0340354952930984E+00 a       995     0    63     1     3
  3.7992235895215014E+00 a       996     0    63     1     4
 -3.9871846632104413E+00 a       997     0    63     1     5
  2.6321619012783781E+00 a       998     0    63     1     6
 -2.2399890778754648E+00 a       999     0    63     1     7
  3.0003764643894058E+00 a      1000     0    63     1     8
 -1.0765946252320716E-01 a      1001     0    63     1     9
  1.0982412437868201E+00 a      1002     0    63     1    10
  8.4765078079716916E-01 a      1003     0    63     1    11
  3.9476920309200363E+00 a      1004     0    63     1    12
 -2.8913107240651832E+00 a      1005     0    63     1    13
 -2.8514189878856993E+00 a      1006     0    63     1    14
  9.0830926792811117E-01 a      1007     0    63     1    15
  1.3975375150623524E+01 a      1008     0    63     1    16
  1.4820914168743291E+00 a      1009     0    64     1     1
 -2.6614911576261941E+00 a      1010     0    64     1     2
 -2.9412230618090002E-01 a      1011     0    64     1     3
  1.3754519576014230E+00 a      1012     0    64     1     4
 -3.3905165198678694E-01 a      1013     0    64     1     5
 -4.1091966633770296E+00 a      1014     0    64     1     6
  2.7864065235694042E+00 a      1015     0    64     1     7
  2.1528271281591937E+00 a      1016     0    64     1     8
  3.2405337355860125E-03 a      1017     0    64     1     9
 -3.1915937054233843E+00 a      1018     0    64     1    10
  6.2645161820559760E+00 a      1019     0    64     1    11
  6.3821588650458159E+00 a      1020     0    64     1    12
  4.9428963826031049E+00 a      1021     0    64     1    13
  4.8464265264875266E+00 a      1022     0    64     1    14
  2.9707614378758231E+00 a      1023     0    64     1    15
 -4.5893032446324483E-01 a      1024     0    64     1    16
  4.6398685059016298E-01 b      1025     1     1
  1.8871174824409895E-01 b      1026     1     2
  3.7434114828432680E-01 b      1027     1     3
  7.6280858519192857E-03 b      1028     1     4
  5.1601888209690458E-02 b      1029     1     5
  5.3863611958595881E-01 b      1030     1     6
 -2.2869425222732170E-01 b      1031     1     7
  2.1020535247407651E-01 b      1032     1     8
  5.0932632076156747E-01 b      1033     1     9
  2.3267573413821313E-01 b      1034     1    10
  7.0990635802398713E-02 b      1035     1    11
 -2.0292829959479261E-01 b      1036     1    12
 -3.3752598540133169E-02 b      1037     1    13
  3.4252130144842924E-01 b      1038     1    14
  5.1627918291513752E-01 b      1039     1    15
 -3.6282965399347800E-01 b      1040     1    16
 -3.0652488959287233E-01 a      1041     1     1     2     1
 -1.7061565233052689E-01 a      1042     1     1     2     2
 -6.7259573482693480E-01 a      1043     1     1     2     3
  9.0738611143343062E-01 a      1044     1     1     2     4
 -2.7505298048885640E-01 a      1045     1     1     2     5
 -1.3076514419871951E-01 a      1046     1     1     2     6
  6.0114382616883490E-03 a      1047     1     1     2     7
 -7.4117720543517640E-01 a      1048     1     1     2     8
 -5.9222998346759523E-02 a      1049     1     1     2     9
  3.7177018102442716E-01 a      1050     1     1     2    10
  2.6314738243579973E-02 a      1051     1     1     2    11
 -1.3666777958246856E+00 a      1052     1     1     2    12
  3.5207464757233081E-01 a      1053     1     1     2    13
 -5.5706665899939656E-01 a      1054     1     1     2    14
  1.7876952634820746E+00 a      1055     1     1     2    15
  4.9904045420423038E-01 a      1056     1     1     2    16
 -1.1654203699093404E+00 a      1057     1     2     2     1
 -1.4783955851991912E+00 a      1058     1     2     2     2
 -5.9441583944657372E-01 a      1059     1     2     2     3
 -1.7377543564363712E-01 a      1060     1     2     2     4
 -5.7090226875634176E-01 a      1061     1     2     2     5
 -2.1315667340266892E-01 a      1062     1     2     2     6
 -4.3064119022595837E-01 a      1063     1     2     2     7
 -3.8199992425501134E-01 a      1064     1     2     2     8
 -2.2035412483014322E-01 a      1065     1     2     2     9
 -3.8817045901551564E-02 a      1066     1     2     2    10
  8.5103801059726014E-01 a      1067     1     2     2    11
  3.0171693415640334E-02 a      1068     1     2     2    12
  9.1617010100715501E-01 a      1069     1     2     2    13
 -9.1740300878497483E-01 a      1070     1     2     2    14
 -2.7358525682216531E-02 a      1071     1     2     2    15
 -1.0352704916230542E+00 a      1072     1     2     2    16
 -7.2034363973756366E-01 a      1073     1     3     2     1
 -1.1903990924907970E+00 a      1074     1     3     2     2
 -1.2194955458243029E-01 a      1075     1     3     2     3
 -1.4513082881689104E-01 a      1076     1     3     2     4
  6.3032221667415109E-02 a      1077     1     3     2     5
 -7.3165034342694002E-01 a      1078     1     3     2     6
 -5.8709382738126459E-01 a      1079     1     3     2     7
  2.5705043723620313E-01 a      1080     1     3     2     8
 -2.2048187957889355E-02 a      1081     1     3     2     9
  2.1932265874246137E-01 a      1082     1     3     2    10
  4.8397355832736338E-01 a      1083     1     3     2    11
  4.9276413727686119E-01 a      1084     1     3     2    12
  3.0997242266014924E-01 a      1085     1     3     2    13
 -4.1135130223672883E-01 a      1086     1     3     2    14
 -3.9422329581737536E-01 a      1087     1     3     2    15
 -6.8282299524482254E-02 a      1088     1     3     2    16
 -5.3980867525679543E-01 a      1089     1     4     2     1
 -9.7974470541218917E-01 a      1090     1     4     2     2
 -2.8548588064811581E-01 a      1091     1     4     2     3
  2.6194390285536262E-01 a      1092     1     4     2     4
  7.7536238149344139E-01 a      1093     1     4     2     5
  7.8423945936517414E-01 a      1094     1     4     2     6
 -1.0594558194024331E+00 a      1095     1     4     2     7
  9.4119329079766348E-02 a      1096     1     4     2     8
 -9.2279417705563616E-01 a      1097     1     4     2     9
  4.3325700898092495E-01 a      1098     1     4     2    10
  1.0610177272573580E+00 a      1099     1     4     2    11
  7.9049943293398306E-01 a      1100     1     4     2    12
  3.5664448984279862E-01 a      1101     1     4     2    13
 -3.1338549042866126E-01 a      1102     1     4     2    14
 -4.0462012858022933E-01 a      1103     1     4     2    15
 -2.1166651064223635E-01 a      1104     1     4     2    16
 -1.1508674947967976E+00 a      1105     1     5     2     1
 -9.0601516368938179E-02 a      1106     1     5     2     2
 -4.1219706034197184E-01 a      1107     1     5     2     3
  1.1392787900708439E-03 a      1108     1     5     2     4
 -5.0521672825344366E-01 a      1109     1     5     2     5
  9.2294723333262119E-01 a      1110     1     5     2     6
  1.0818088366566359E+00 a      1111     1     5     2     7
 -1.5838319109662974E-03 a      1112     1     5     2     8
 -1.1209313088715838E+00 a      1113     1     5     2     9
 -1.2256473424629342E+00 a      1114     1     5     2    10
 -1.0086352566276247E-01 a      1115     1     5     2    11
 -1.8354216683488311E-01 a      1116     1     5     2    12
  2.9908895991599560E-01 a      1117     1     5     2    13
 -1.1075943742981764E+00 a      1118     1     5     2    14
 -4.4228418792725332E-01 a      1119     1     5     2    15
  4.9135160644657222E-01 a      1120     1     5     2    16
 -8.2387748036382283E-02 a      1121     1     6     2     1
 -1.0554250207728519E+00 a      1122     1     6     2     2
 -3.6054561456013962E-02 a      1123     1     6     2     3
  3.0549646975206962E-01 a      1124     1     6     2     4
 -9.0758314181114783E-02 a      1125     1     6     2     5
  3.3777274620714559E-01 a      1126     1     6     2     6
  4.4874160622689263E-01 a      1127     1     6     2     7
 -1.8524293280953555E-01 a      1128     1     6     2     8
  9.6626250318669286E-03 a      1129     1     6     2     9
 -3.4352148758158596E-01 a      1130     1     6     2    10
  5.8033258620813022E-01 a      1131     1     6     2    11
 -1.4496223416125578E+00 a      1132     1     6     2    12
 -8.6626592395112356E-01 a      1133     1     6     2    13
  5.1831575933793528E-01 a      1134     1     6     2    14
  8.3823052294489353E-01 a      1135     1     6     2    15
  3.0352249647817203E-01 a      1136     1     6     2    16
 -1.1085799243786765E-01 a      1137     1     7     2     1
 -6.4347462630150520E-01 a      1138     1     7     2     2
  2.6050109920564818E-01 a      1139     1     7     2     3
  1.0026461061154137E+00 a      1140     1     7     2     4
  9.4024975710893044E-01 a      1141     1     7     2     5
 -3.6179838337147346E-01 a      1142     1     7     2     6
  1.0686344406305591E-01 a      1143     1     7     2     7
 -4.1817998553174984E-01 a      1144     1     7     2     8
  5.4230388427076803E-01 a      1145     1     7     2     9
  8.4710768462890540E-01 a      1146     1     7     2    10
 -9.8837542699238445E-01 a      1147     1     7     2    11
 -1.3804201387065851E-01 a      1148     1     7     2    12
  1.0390368597823176E+00 a      1149     1     7     2    13
  1.3711735560281888E+00 a      1150     1     7     2    14
  9.3016054945553317E-01 a      1151     1     7     2    15
  2.6553658760272436E-01 a      1152     1     7     2    16
 -4.3155655797573900E-01 a      1153     1     8     2     1
  1.8349717914652186E+00 a      1154     1     8     2     2
  4.3613637911380659E-01 a      1155     1     8     2     3
 -3.8163262596305142E-01 a      1156     1     8     2     4
 -7.8871433642893007E-02 a      1157     1     8     2     5
  2.4187140494471113E-01 a      1158     1     8     2     6
 -4.1831543949136851E-01 a      1159     1     8     2     7
  4.9804230356085860E-01 a      1160     1     8     2     8
  1.1838699577312282E+00 a      1161     1     8     2     9
  1.2558817721452751E+00 a      1162     1     8     2    10
  7.7213903872606640E-02 a      1163     1     8     2    11
 -1.2688219346833651E-01 a      1164     1     8     2    12
  1.5825666297019919E-01 a      1165     1     8     2    13
 -6.9154808159914805E-01 a      1166     1     8     2    14
  4.3331403103507915E-01 a      1167     1     8     2    15
  2.2877943610553905E-01 a      1168     1     8     2    16
  1.4980810528890787E+00 a      1169     1     9     2     1
 -1.9727198161528600E-01 a      1170     1     9     2     2
 -9.8066077706684607E-01 a      1171     1     9     2     3
  1.0849630854524179E+00 a      1172     1     9     2     4
  8.2633085376263793E-01 a      1173     1     9     2     5
 -1.9745600971464353E-01 a      1174     1     9     2     6
  1.7059070566851042E+00 a      1175     1     9     2     7
 -1.7112698426589157E+00 a      1176     1     9     2     8
 -1.1693497821167207E+00 a      1177     1     9     2     9
 -8.8002168239250300E-01 a      1178     1     9     2    10
 -5.8718065314778933E-01 a      1179     1     9     2    11
 -2.1318188381904077E-01 a      1180     1     9     2    12
  7.4144863563543628E-01 a      1181     1     9     2    13
  7.2008782721511599E-01 a      1182     1     9     2    14
 -2.3979579472286597E-01 a      1183     1     9     2    15
  8.3072977409902138E-01 a      1184     1     9     2    16
 -1.6151255434856371E-01 a      1185     1    10     2     1
 -3.0805205366184785E-01 a      1186     1    10     2     2
  1.3017449261532946E-01 a      1187     1    10     2     3
 -1.1388106887780736E+00 a      1188     1    10     2     4
  3.0126450353105522E-01 a      1189     1    10     2     5
 -4.5910644105352817E-02 a      1190     1    10     2     6
 -5.6229370724188488E-01 a      1191     1    10     2     7
  3.6375032984626110E-01 a      1192     1    10     2     8
  3.6517309542737547E-01 a      1193     1    10     2     9
  3.8491252940001314E-01 a      1194     1    10     2    10
  1.9290833640343236E-01 a      1195     1    10     2    11
 -2.7706574051880223E-01 a      1196     1    10     2    12
 -8.2334525702003447E-01 a      1197     1    10     2    13
  9.0808737556121411E-01 a      1198     1    10     2    14
  5.7130766744431204E-02 a      1199     1    10     2    15
  3.5816648811646833E-02 a      1200     1    10     2    16
  1.4819886589580993E+00 a      1201     1    11     2     1
 -2.4131905682332494E-01 a      1202     1    11     2     2
 -7.4361724103387850E-01 a      1203     1    11     2     3
  3.9091511526255657E-01 a      1204     1    11     2     4
  1.4753221157082919E-01 a      1205     1    11     2     5
 -8.7441096305809984E-01 a      1206     1    11     2     6
  1.3627155530231388E-01 a      1207     1    11     2     7
 -9.4145345853221385E-01 a      1208     1    11     2     8
  5.9084983236608962E-02 a      1209     1    11     2     9
 -5.2906372550249901E-02 a      1210     1    11     2    10
  4.4984981087553877E-01 a      1211     1    11     2    11
  2.7166141381459813E-01 a      1212     1    11     2    12
 -4.2751832699030401E-01 a      1213     1    11     2    13
  4.2152555077119480E-01 a      1214     1    11     2    14
 -1.8964085129981204E-01 a      1215     1    11     2    15
  1.4428748733515651E-01 a      1216     1    11     2    16
 -7.0813398448683684E-01 a      1217     1    12     2     1
 -2.4289448097483685E-01 a      1218     1    12     2     2
  7.7114516341379191E-01 a      1219     1    12     2     3
 -7.3366096823454019E-01 a      1220     1    12     2     4
  4.3126816961669739E-01 a      1221     1    12     2     5
 -9.9326134542142355E-02 a      1222     1    12     2     6
 -1.0894905914491890E+00 a      1223     1    12     2     7
  1.5149573804968195E+00 a      1224     1    12     2     8
  1.5810683267935338E-01 a      1225     1    12     2     9
  2.1978503864584695E-01 a      1226     1    12     2    10
  7.2475075348861695E-01 a      1227     1    12     2    11
 -2.0219145714344225E-01 a      1228     1    12     2    12
 -3.0185368202597612E-01 a      1229     1    12     2    13
  1.7417699687816640E-01 a      1230     1    12     2    14
  1.3893469751291657E-01 a      1231     1    12     2    15
 -3.6600666663258119E-02 a      1232     1    12     2    16
  1.0520469036635594E+00 a      1233     1    13     2     1
  1.0609515704327829E-01 a      1234     1    13     2     2
 -1.3412921201803604E-01 a      1235     1    13     2     3
 -1.2747207126015510E+00 a      1236     1    13     2     4
 -3.0240152242254359E-01 a      1237     1    13     2     5
 -4.4621208488776737E-01 a      1238     1    13     2     6
  3.4453199517031330E-01 a      1239     1    13     2     7
  9.4072965629045069E-01 a      1240     1    13     2     8
 -1.2145054193799614E+00 a      1241     1    13     2     9
  4.6547423827416362E-01 a      1242     1    13     2    10
 -5.7786525540734590E-01 a      1243     1    13     2    11
  6.1840456789452192E-01 a      1244     1    13     2    12
 -5.0151687031826597E-01 a      1245     1    13     2    13
 -6.5293372144653827E-01 a      1246     1    13     2    14
 -1.0697273478621525E+00 a      1247     1    13     2    15
  5.7501865635217497E-01 a      1248     1    13     2    16
 -8.5177220109317153E-01 a      1249     1    14     2     1
  5.2986373715987245E-01 a      1250     1    14     2     2
 -9.3035947927382595E-02 a      1251     1    14     2     3
  6.9173761421367330E-01 a      1252     1    14     2     4
 -6.9436560775619549E-02 a      1253     1    14     2     5
 -1.0262398724271968E+00 a      1254     1    14     2     6
  6.2235823098431720E-01 a      1255     1    14     2     7
 -3.6279794946424188E-01 a      1256     1    14     2     8
  1.0290257345250098E+00 a      1257     1    14     2     9
  4.6549494435636114E-02 a      1258     1    14     2    10
 -4.1742985181577369E-01 a      1259     1    14     2    11
  1.0266131094991043E-01 a      1260     1    14     2    12
  2.6830119937245760E-02 a      1261     1    14     2    13
 -7.2234629045386994E-02 a      1262     1    14     2    14
  6.3125133586584137E-01 a      1263     1    14     2    15
  8.5889241138233141E-01 a      1264     1    14     2    16
 -3.5433819259812122E-01 a      1265     1    15     2     1
 -6.4265133757832316E-01 a      1266     1    15     2     2
  4.1413854088487245E-02 a      1267     1    15     2     3
 -3.0544597112204693E-02 a      1268     1    15     2     4
 -1.4094165653996812E-02 a      1269     1    15     2     5
  4.3892420394233939E-01 a      1270     1    15     2     6
 -2.8485777195546336E-01 a      1271     1    15     2     7
 -1.0662101396246990E-01 a      1272     1    15     2     8
 -1.7458659714147939E-01 a      1273     1    15     2     9
  3.8690851828401251E-01 a      1274     1    15     2    10
 -1.1829204575802539E-02 a      1275     1    15     2    11
 -1.1118796305837615E+00 a      1276     1    15     2    12
  9.4972148490552655E-01 a      1277     1    15     2    13
  5.1222467010112538E-01 a      1278     1    15     2    14
  7.0017269211348465E-01 a      1279     1    15     2    15
 -2.5284130620919515E-01 a      1280     1    15     2    16
 -3.7089012785907272E-01 a      1281     1    16     2     1
 -2.1164320025124791E-02 a      1282     1    16     2     2
 -8.4916477473678775E-01 a      1283     1    16     2     3
  1.0152996836719308E+00 a      1284     1    16     2     4
  1.5566050987070403E+00 a      1285     1    16     2     5
 -1.1144958179548059E+00 a      1286     1    16     2     6
  2.1697496918193548E-01 a      1287     1    16     2     7
  3.5917007008839680E-01 a      1288     1    16     2     8
  2.1827851323666203E-01 a      1289     1    16     2     9
  1.5532898564442748E+00 a      1290     1    16     2    10
  3.0845707541303841E-01 a      1291     1    16     2    11
  3.6349578724620257E-01 a      1292     1    16     2    12
 -5.2358982276235214E-02 a      1293     1    16     2    13
  1.1582036952012797E+00 a      1294     1    16     2    14
  1.7131267954022200E-01 a      1295     1    16     2    15
 -1.3030905003427888E+00 a      1296     1    16     2    16
 -1.6379155842765396E+00 b      1297     2     1
 -1.0890678759745565E+00 b      1298     2     2
 -4.7923453765252345E-02 b      1299     2     3
 -4.9937362160794280E-01 b      1300     2     4
 -1.0733682694638158E+00 b      1301     2     5
 -5.4009815371273129E-01 b      1302     2     6
 -3.5357912658700941E-01 b      1303     2     7
  4.6264916876999707E-01 b      1304     2     8
  4.0991683903749998E-01 b      1305     2     9
 -8.2440990220209542E-01 b      1306     2    10
 -5.4790508623776224E-01 b      1307     2    11
  1.3439139566583647E+00 b      1308     2    12
  6.2067259632728300E-01 b      1309     2    13
 -7.5167477547185213E-01 b      1310     2    14
 -1.0643332466438722E+00 b      1311     2    15
 -3.0098339709142763E-01 b      1312     2    16
 -4.3625840576476982E-01 a      1313     2     1     3     1
  3.5396890609579768E-01 a      1314     2     2     3     1
 -8.6693135185531622E-01 a      1315     2     3     3     1
 -7.8196404289033072E-02 a      1316     2     4     3     1
  1.7490815637098012E-01 a      1317     2     5     3     1
 -1.2047251663455456E-01 a      1318     2     6     3     1
  6.1916141318628347E-02 a      1319     2     7     3     1
  1.5529626514584124E-01 a      1320     2     8     3     1
  1.2548005504469059E-01 a      1321     2     9     3     1
 -1.0557159351388073E-01 a      1322     2    10     3     1
 -8.0693112962467537E-03 a      1323     2    11     3     1
 -3.5057130812748860E-02 a      1324     2    12     3     1
  1.6875125893369826E-03 a      1325     2    13     3     1
 -1.3320921182041209E-01 a      1326     2    14     3     1
  6.3620769337910013E-02 a      1327     2    15     3     1
 -6.4763837544371233E-02 a      1328     2    16     3     1
 -1.4564657736868308E-01 b      1329     3     1
