     -0.3411344134
      0.1421329848
      0.6259264941
     -0.6772418360
     -0.0546471495
     -0.0872888558
     -0.0366867531
      0.2803138853
     -0.1193700319
      0.6656193645
     -0.0754581724
     -0.0338864606
      0.1012643483
      0.1745419802
     -0.0485310254
     -0.1559940058
      0.2128089393
      0.3979310894
     -0.2820330198
      0.6004626171
     -1.3838702749
      0.5373261512
     -0.1472722859
      0.3194175638
     -0.6581357258
     -1.7248477236
      1.0663018026
      0.2452934080
     -0.9386809682
      0.4983050725
     -0.2768803714
      0.1017474853
     -0.8984253518
      0.2516064763
     -1.1737337586
      0.8637293329
      0.2992561427
      0.3270243473
     -0.1633716631
     -0.3793682711
     -0.7335349148
      0.2540934620
     -0.0575844431
      0.3858993883
     -1.9641278905
     -0.3721519463
     -1.0192735440
     -0.3269050553
     -0.2417636153
     -0.5973628416
     -0.1184956619
      1.1417138243
     -0.3089630866
      0.6290530248
      0.4741808080
      0.2568038566
      0.3142199728
     -0.2638252861
      1.5691723555
      0.7533580664
     -0.4402212423
     -0.0491541731
      0.5689414786
     -0.2859501586
     -0.3412464615
      0.6562816200
      0.3271478430
     -0.7970308165
      1.4085676370
     -0.3690287319
     -0.3081513972
     -0.3489178723
     -0.1179431396
     -1.0402778376
      0.9122225527
     -1.3672055186
     -0.0687888709
      0.4653450128
     -1.6967945428
     -0.0280058853
      0.2124977669
      0.0921440877
      0.0695934686
     -0.9041318473
     -1.2728791584
     -0.8599864717
      0.1089215413
      0.1213184070
      0.3649258947
      0.1428904326
     -0.2698133273
     -0.2229682908
     -1.9973705293
     -0.3638941921
      0.0456528522
     -0.0471971803
      0.3896620160
      0.7090534447
      0.6175088331
      1.4050776497
      1.3937474948
     -2.8256607931
      1.8962596513
     -0.0234395941
      0.4309325178
     -1.7852752563
      0.9083565671
      0.6500222384
      2.0579981032
     -1.7068332250
      0.5204845485
      0.2917367904
      0.2808677092
     -0.7591711563
     -0.2059956338
      1.2751877959
      1.8531270759
      0.7304694130
     -0.6810546037
      0.3041224624
     -0.5645989506
      0.1956381752
      0.5224091776
      1.7330533504
      0.6784014167
     -0.3710442142
      2.2626610785
     -0.0567784213
     -0.3852215364
     -1.0285366579
      2.3246035673
      0.9700543246
      2.6349071720
     -0.5722324273
     -0.5266347813
      0.3008496773
     -0.6789697017
     -0.4179433043
     -1.1743321159
      0.1727753359
      2.7064333142
      1.3415972404
     -0.1951668634
      0.1178652036
      0.8473698344
     -0.4106800272
     -0.5615250807
      0.2259260159
      0.7334143001
     -0.3109393846
      0.2560033248
     -0.1261286599
      0.1857874923
     -0.2070632683
      0.1219238136
     -0.0591667572
     -1.0803374843
     -0.3821997451
      0.1734234665
      0.2149952616
      0.6892120481
     -0.5734512048
     -0.0350484197
      0.9949407282
     -0.6738341122
      0.6904860381
     -0.2972176115
      0.4641250256
      0.8877772224
     -0.5723341113
     -2.5058187951
      3.9321454895
      0.6806186290
     -0.9424622062
      4.1779168816
     -0.1275972192
      0.5425365698
     -0.9399946122
      2.5803494106
      1.4422312273
      0.7107679144
     -0.3683014473
      0.0170584727
     -0.0325695483
      0.2252124118
     -0.6705704430
     -0.2048905026
      0.9422577972
      3.0828131496
      1.0049892536
     -0.3791930795
      0.8280382047
      0.1414859517
     -0.1465020974
      0.3139212496
     -0.2536831194
     -0.1835664544
      0.2636773763
     -0.0780410123
     -0.0551836675
      0.0297114248
      0.1048843675
     -0.1873752647
      0.0562045735
      0.3070677564
      0.0367779748
     -0.3959478412
      0.0242027598
      0.2931112775
      0.2265890634
     -0.1953883818
     -0.2823517994
     -0.1920109469
     -0.1797155024
     -0.0526304918
      0.1662764512
      0.8143839151
     -0.1894869656
     -0.3956140376
     -0.4448686011
      0.4440854206
     -0.2023827136
     -0.1970046554
     -0.2250545280
      0.0974946409
      0.2104016684
     -0.1625052283
     -0.2706749125
      0.1329044803
     -0.0182977207
      0.2006739015
     -0.5149996366
      0.7035134319
     -0.1374760714
     -0.1347529025
     -0.0966964698
      0.6747395501
      0.2480658344
      0.6255709252
     -0.1101266788
      0.3454686163
     -0.2693270750
      0.0494834935
     -1.0569418364
     -0.7842991411
      1.1118798947
     -0.7913322803
      0.1782212741
      0.1263078150
      1.2959398393
     -0.4096291960
     -0.7297737358
     -1.0352965189
      0.8643829599
     -0.3310943682
      0.2001731507
     -0.4821116931
      0.4434455528
      0.5026870648
      0.0330806783
     -0.6076765621
     -0.0841269391
      0.0976116843
      0.3764400209
     -0.3137513420
     -0.0016680100
      0.2676372758
     -0.0142583940
     -0.0333933494
      0.8514484356
     -0.2752580074
      0.2834968250
      0.1887053441
      0.0657357443
      0.1287070932
      0.5597189757
     -0.4443918778
      0.6602968600
     -0.4169290701
     -0.0355980112
     -0.6887305969
     -0.0343694391
      0.0896673024
      0.0229759766
     -0.7352242751
     -0.0066777729
      0.1413430959
     -0.0241362411
      0.1338251379
     -0.5563265744
     -0.0938744778
     -0.1192565717
     -0.0046761910
      0.2275360259
      0.0238516551
     -0.0303879541
      0.4249342697
     -0.1016877254
     -0.5458976612
      0.2300250757
      0.0695106276
      0.0960865648
     -0.5481236242
     -0.4389182089
      0.0644905644
     -0.5390086377
     -0.3516180065
     -0.0497462044
      0.0177473852
      0.2474580567
     -0.1651807750
     -0.2901278361
     -0.6229012214
      0.3714983654
     -0.3085456539
      0.7218180194
     -0.4263804149
     -0.9406621951
      0.4780487592
     -0.0504601943
     -0.3319706412
     -1.0378028789
      0.6249415656
      0.4081218651
     -0.1991377967
     -0.0517921626
     -0.0059558381
      0.1607405215
      0.3745829987
      0.4365258257
      0.0188059478
     -0.3675944702
     -0.6804584416
      0.0216324265
     -0.1001412069
     -0.0364006734
     -0.2445490740
      0.0320291140
     -0.3776071469
      0.0698826489
     -0.2544201634
     -0.4048747704
      0.2603380772
     -0.2490889360
     -0.1526584490
     -0.2913866228
     -1.1593061674
     -0.3289033275
      0.4996571025
      0.3743471852
      0.2520243546
      0.0626208402
     -0.2261332520
     -0.0262882340
     -0.0523053595
      0.4904201799
     -0.3043019966
     -0.0602456400
      0.1448747038
     -0.1059613773
      0.4383189951
      0.2158809405
     -0.0930559183
     -1.4299178994
      0.3376711939
     -0.5780900867
      0.4108089096
     -0.0494943855
     -0.5894200108
      0.8537992974
     -0.3345439229
      0.9092751316
     -0.3135816773
     -0.2270601280
     -0.6825759745
     -0.5013383102
     -0.4532803369
      0.3230702689
      0.6592114440
      0.1934408350
     -0.9824613989
      0.0219012511
      0.5219885264
     -0.3814059755
      0.3231328800
      0.4103151628
      0.1954191345
      0.0304935135
      0.2057806359
      0.6310808241
      0.1865948314
     -0.1825840111
      0.0567803066
     -0.4292268943
     -0.6435193603
      0.5181845582
      0.1967245423
     -0.8360296714
     -0.0965028841
     -0.1903027790
     -0.7136031911
      0.1314387728
     -0.0589923547
      0.2329240551
     -0.0076009519
     -0.2368082437
      0.2802099206
      0.0133964700
     -0.1539428427
     -0.4366291361
      0.0049441284
      0.2998302029
      0.0095083417
     -0.1110653017
     -0.0938322338
     -0.1142940550
      0.1916748406
      0.2025328346
     -0.0710197758
      0.1713843833
      0.1055120343
     -0.4453982219
     -0.3473503297
      0.1432925736
     -0.2661483608
     -0.1819929633
      0.2794067174
     -0.4327296146
      0.9243260061
     -0.1111275679
     -0.4116035557
      0.1925965968
     -0.5266838929
      0.2933035449
      0.1211206145
      0.7595759871
     -0.1031305653
      0.3739666621
     -0.0905482364
     -0.5435979472
     -0.4246372611
      0.1774808177
      0.5828480853
     -0.4853399488
     -0.3252315196
      0.1793008118
     -0.6229332774
      0.2733160743
     -0.1060169626
      0.3630036696
      0.0489547823
     -0.4559670486
     -0.3712947093
     -0.2260487400
     -0.0925133106
     -0.5275485946
      0.6256544633
      0.0208960933
      0.3478435551
      0.4727914617
      0.8102060425
     -0.3982555224
      0.3402570051
     -0.3486760141
      0.0576351636
     -0.4383608764
      0.7214457936
      0.2084594264
      0.2802092698
     -1.4256316041
      0.1562237780
      0.6012345877
      0.1467868765
     -0.6325241408
      0.5052723477
      0.3307669305
      0.8796122902
      0.5603710273
     -0.2538041053
      1.3517448741
      0.0002422863
     -0.2795727486
      0.4319728305
     -0.1649250327
      0.0645136556
     -0.2852265725
      0.1389179917
      0.2834887703
     -0.0449582650
      0.2148504189
     -0.1403021262
      0.0486356424
      0.1775092691
     -0.4175056577
     -0.1369461144
     -0.0876628989
      0.0100444294
      0.1885215989
     -0.0905682155
      0.4205568938
     -0.1852366032
      0.1854794666
     -0.3586224922
      0.3666213308
      0.3486303898
     -0.2750380480
      0.2206040519
     -0.3458380184
     -0.0804464248
      0.4008274638
      0.0049634572
     -0.6979096867
     -0.2434986521
      0.8016165119
     -0.3555652846
     -0.7083508453
     -0.0860565893
      0.0111710191
      0.3863740088
      0.0904913134
     -0.4469664935
     -0.0249396884
      0.3491102560
     -0.2019866934
     -0.5297138701
      0.4130469209
     -0.0121673741
      0.5839994095
     -0.5615377818
     -0.1079561464
     -0.2248389894
      0.4792499751
     -0.4052637753
     -0.8092621458
     -0.1972130627
     -0.3753366135
      0.0426543736
     -0.0851065076
     -0.0186781408
     -0.3561196136
     -0.4862152658
      0.1147837888
      0.7833159731
     -0.0752774052
      0.6624874775
      0.3581090050
      0.0338226138
      0.2355804326
     -0.7705005319
      0.5133423803
     -0.4302318434
      0.0603726596
      0.3336468576
      0.2512987653
      0.4107213140
     -1.4183417911
     -0.2283731614
     -0.9218237899
      0.7376072195
     -0.2462436069
      0.4854078464
      0.4230455700
      0.1513685444
      0.7560421786
      0.4774810769
      0.0434025682
     -0.0173581700
      0.0470668640
      0.3373585865
      0.8245492025
      0.3700708357
     -0.7736770985
     -0.7524615803
     -1.1438148981
     -0.1086778498
     -0.5334631912
      0.0779009497
     -0.1927355019
     -0.3217447559
     -0.0130611685
      0.0040305467
      1.0100785422
      0.3035994234
      0.1831999595
      0.4506609373
     -0.6606164415
     -0.0404304817
      0.0028840755
     -1.1512955150
     -0.6606441925
      0.9826388697
      0.1803294355
      0.3670440234
      0.1277816017
      0.4696902034
      0.2390195303
     -0.7441997749
      0.0113182351
     -0.6317835939
      1.3920161715
     -0.2836957581
     -0.0301209340
     -0.1073839198
     -0.0852793921
      0.0858283164
      0.1962903977
     -0.3981904790
     -0.3223265964
     -0.1832891339
     -0.2364663032
      0.1683530375
      0.4392274575
      0.4292403317
      0.1240855467
      0.7349737811
      0.1036132225
     -0.0155564768
     -0.4412232952
     -0.0808307618
      0.1102530947
      0.1034184661
     -0.0845948459
      0.0908952695
      0.0775114631
     -0.4480572307
     -0.4943409089
     -0.3973346746
      0.2461758920
     -0.1404804959
      0.0894830790
     -0.5666313002
      0.2541208875
      0.4652158237
     -0.5128485318
     -0.4207855471
     -0.4066268150
      0.4165325191
      0.5882884234
     -0.1911419024
     -0.0969669860
      0.2355385346
     -0.4444024789
     -0.2417790410
      0.1571685384
      0.3528270095
      0.0231312434
      0.3287511318
     -0.4897272953
     -0.2068598852
      0.0593094756
     -0.2604374635
      0.1339335648
     -0.2584696756
     -0.1801630407
     -0.2594918818
     -0.0474647716
     -0.5416541581
     -0.1015154001
     -0.0033347574
     -0.0847517495
      0.3322321031
      0.3742445183
      0.4184867774
      0.2504956627
      0.3567162953
     -0.1595887740
      0.1760393085
      0.0838017790
      0.0085460923
     -0.3677834364
      0.1336696822
      0.3438428558
      0.1158182841
      0.0680406730
     -0.1220233110
     -0.1798639730
     -0.0397391347
     -0.3620658412
      0.4833843837
      0.2008070003
      0.2583002801
     -0.1781876556
     -0.2188435942
     -0.1605082877
      0.2698343567
     -0.3255917957
      0.3257171471
      0.0194306384
      0.9519584235
     -0.1859508065
     -0.2801798198
      0.1868508073
      0.1953687447
     -0.0141332749
     -0.1000347202
      0.1498034164
      0.2008510355
      0.1601959349
     -0.3821825424
     -0.5799533277
     -0.0031941211
      0.8968802999
     -0.2854603025
     -0.2337640628
      0.1261252372
      0.1137275730
     -0.8263242921
     -0.0861625725
      0.1015757496
      0.0071532117
     -0.4833927610
      0.2012442038
     -0.1976012454
     -0.0945089828
      0.1675223119
     -0.2893044699
      0.1649317848
     -0.3309635271
     -0.1146901304
      0.5750318482
     -0.2209580243
     -0.1196884363
     -0.1402361696
     -0.2064712665
     -0.1329420928
      0.2106734258
     -0.1924733316
      0.0290215370
      0.1139001841
      0.1477826936
     -0.1836724573
      0.1252809508
      0.1526899860
      0.3032805473
      0.2132844709
     -0.1150274547
     -0.2202156599
      0.1574704588
     -0.2284235899
     -0.1480683793
     -0.0883550785
     -0.2254786417
     -0.1349687598
     -0.1899710866
      0.0540213177
     -0.3276136143
      0.2001260099
     -0.1701858258
     -0.0429162480
      0.0752565752
      0.1732038458
     -0.0933373826
     -0.0124463354
      0.1916902868
      0.0874903757
      0.0536684900
     -0.2964256433
     -0.0859808218
     -0.0943101647
     -0.2400282672
      0.1751136253
     -0.2030375839
      0.0639253913
     -0.0607989917
     -0.2204419004
      0.2320384836
      0.1286891513
     -0.1695665503
     -0.1902632174
      0.0347115598
      0.0102529556
      0.1573309125
      0.1372169124
     -0.4709460781
      0.1566922860
     -0.0812965911
      0.2742066944
     -0.1635368405
      0.5723439816
     -0.0366218419
      0.0154204781
     -0.0405557379
     -0.0195453972
      0.1955541738
     -0.2943854559
     -0.4091880249
      0.2518982994
      0.1538954028
      0.4997017367
     -0.0878581604
     -0.1511417682
     -0.2202100359
      0.1993754983
     -0.1686688862
      0.1879692197
      0.0130290242
      0.3116708815
     -0.1837434857
      0.2517774230
      0.3000773208
     -0.0651208136
     -0.1400692968
     -0.1327859923
      0.4941804664
      0.2469843948
      0.2894851396
      0.2490957121
      0.1403876316
     -0.4032027263
      0.0846721117
      0.1573007405
      0.2718385182
      0.4939500276
      0.0588528520
     -0.2250747841
     -0.0108310268
     -0.2263244017
     -0.2017353342
     -0.1966541725
     -0.0972913355
      0.1045524031
     -0.1853077687
     -0.1539091211
     -0.1648265706
      0.2181360006
     -0.1592687211
      0.2583551574
     -0.2862060426
     -0.0094731819
     -0.2792008453
      0.2875258368
     -0.2553499930
     -0.1135318380
      0.2925702909
     -0.0618655275
      0.2394208933
     -0.2621411505
     -0.1225868247
      0.2511036460
     -0.3146316132
      0.2707589599
      0.0994941152
      0.2025624655
     -0.2851398451
      0.3085900002
      0.2803720820
     -0.0417920165
      0.2454342417
      0.0277129980
      0.1701361693
      0.1154482700
      0.3000588701
      0.0225788663
     -0.0339212995
     -0.1963044423
      0.1364259377
     -0.2589335869
     -0.1614420443
     -0.2259403305
     -0.1625926645
     -0.1706172518
     -0.0085946115
     -0.2749469640
     -0.3137761712
     -0.4193480327
      0.1754528916
      0.2529328205
     -0.6072107601
      0.1180677163
      0.1899848204
     -0.4390869688
     -0.1157733172
     -0.0599810454
      0.5619890120
      0.0157721265
     -0.1840973728
     -0.1838072473
      0.1881578559
      0.3192626918
      0.1918595861
     -0.1708257465
      0.2446860750
      0.2431871673
      0.2386815112
     -0.3902878134
     -0.3051918478
     -0.2883073138
      0.1238135817
      0.0055312992
     -0.1417514020
      0.1636044169
      0.2839909565
     -0.3843411635
     -0.4935399139
      0.1452048576
     -0.1535653515
      0.1297531122
     -0.5833432645
     -0.0338165867
      0.2316250120
      0.3800607414
      0.0241050039
      0.0950890311
     -0.0777885200
      0.4218266040
      0.4053546407
     -0.1904410952
     -0.1924170792
      0.5467592341
      0.5425766712
     -0.1422481374
      0.1726944793
      0.2751981643
     -0.2766936167
      0.0723708050
     -0.1235594130
      0.5893584169
     -0.1565184902
     -0.1228233838
      0.2883634657
      0.1023921215
      0.2013547875
      0.4128378603
     -0.3101128536
     -0.0585773065
      0.0336236609
     -0.2297389211
      0.2713197709
      0.0830607994
     -0.3582489396
     -0.0769733171
     -0.2799129089
     -0.5052336676
     -0.3037460496
     -0.3994308340
      0.0903397633
      0.1157229599
     -0.2992560285
     -0.1443331653
     -0.1237775390
      0.0574368556
      0.0364915031
     -0.0387886386
     -0.2778866530
      0.2655115833
      0.0176725535
     -0.4490061948
     -0.0201411737
     -0.4149075886
     -0.6708650314
     -0.0055527860
     -0.4094502665
      0.0352472151
      0.1274387285
      0.0432057107
      0.2857350723
      0.2101683747
      0.0801027690
      0.1644718901
      0.2957552807
     -0.3343016862
      0.1611346970
      0.0449350757
     -0.0599678402
     -0.4363374043
     -0.0299407437
     -0.5048334835
     -0.1954795866
      0.1429789200
      0.0205500491
     -0.6295095342
      0.0544339450
      0.3073205044
      0.0406880168
      0.0598067826
     -0.1403453213
     -0.1494421222
      0.2521757713
     -0.1855722649
     -0.2693701448
      0.1271811665
     -0.0453535583
      0.2163005792
     -0.0646961439
     -0.1305629989
     -0.2411427800
      0.2943349934
     -0.4085032561
     -0.2544569936
     -0.0593962444
     -0.1784675928
     -0.0225525441
     -0.3475678198
      0.1263781841
     -0.1604574462
     -0.4590923362
      0.0760956601
     -0.4526275758
      0.0095603068
     -0.2070101008
     -0.3113046634
     -0.2240005460
      0.0060976677
     -0.2706560508
      0.0536604508
     -0.1298539886
     -0.1441746942
      0.0920119073
     -0.0713328116
      0.1176931129
      0.0390699880
      0.3260052374
      0.0215823351
     -0.1349636552
     -0.3264764389
     -0.2018640022
     -0.1795651537
      0.1242341263
     -0.1018404885
      0.3229900848
     -0.1268027002
     -0.1320829344
      0.1206574065
      0.1103354026
     -0.1064635363
     -0.2518860198
     -0.4218833256
      0.1599487677
      0.0058757877
      0.0509051096
      0.3839141821
      0.1098964458
      0.6129369185
     -0.0022495574
      0.2798157790
     -0.5957281678
      0.6489428944
     -0.0541772588
     -0.1926699272
     -0.0246832889
      0.5442702782
      0.5651919243
      0.4041612017
     -0.6926595428
      0.1289195371
     -0.6665850105
     -0.2541992772
     -0.0274951130
      0.4686437236
     -0.2147108578
     -0.2600102588
      0.3504640655
      0.7726763378
     -0.0886363220
     -0.3227072077
      0.6776339661
      0.3407738571
     -0.1471876197
     -0.0317650983
     -0.2375203051
      0.4883200219
     -0.8624334380
     -0.2005410482
      0.1286994913
     -0.0525073571
     -0.2495796477
     -0.1454074134
      0.3121986514
      0.0392122836
     -0.3884109679
      0.1469627022
      0.0305481714
      0.1182339127
     -0.2633703562
      0.0964503902
      0.4292751487
      0.1481302105
     -0.3091890896
     -0.0563791630
     -0.0569708748
     -0.2878467237
      0.6980443120
     -0.5281532568
      1.0994826763
      0.1047736157
     -0.6617339358
      0.2166802555
      0.0468076746
     -0.1441988274
     -0.6470088067
      0.2847864652
      0.1213096577
      1.1583101187
     -0.2578548771
     -0.0600519710
     -0.3142794964
     -0.3853760214
     -0.7192825099
      0.0045182311
      0.0175534605
      1.0799130407
      0.3182832380
      0.4861201274
     -0.5128365090
      0.2864938590
     -0.1701343744
     -0.0940764895
      0.6259214499
     -0.1013896429
     -0.3460017199
      0.1161308708
      0.1962557588
      0.1658079261
     -0.2293995236
      0.5246774282
      0.7441920414
      0.4849100185
      0.3738964641
     -0.0073503699
     -0.1633674527
      0.5795333681
      0.1938228678
     -0.1878163833
      0.3477036899
     -1.0766412207
     -0.1561734734
     -0.1991783514
      0.0435869865
     -0.2392213677
     -0.2352086071
      0.3818971856
     -1.0913063537
      0.0011149312
      0.0613073211
     -1.4378526125
      0.1462581681
     -0.2077699140
      0.1921096133
     -0.6588842134
     -0.4903461963
     -0.8351903424
     -0.4288305206
     -0.0824054284
      0.2935162539
      0.3031360763
     -0.2452063073
     -0.2467915623
      0.2386248745
     -2.0280634251
      0.0791777241
     -0.2272851816
      0.2516776237
      0.0699957684
      0.2279048798
     -0.2293962249
     -0.1296359385
     -0.2778041452
     -0.1975590945
     -0.0400559628
      0.1383849146
     -0.2025913929
      0.1315109254
      0.2362692086
     -0.0911175726
      0.0309451214
      0.0932508891
     -0.1305375846
      0.0243616720
     -0.2960491707
      0.0333483910
      0.2962743486
      0.2322434253
     -0.1370836591
      0.2053723080
     -0.0685284184
     -0.0946655472
     -0.2552081094
      0.2945685211
     -0.2916618245
      0.1686172660
      0.1237973241
     -0.0557433354
      0.2651344042
      0.2456983291
      0.2559517089
      0.3356337743
      0.2136084900
     -0.1663410708
     -0.0471811920
     -0.1477831132
     -0.2847145144
     -0.2893691647
     -0.2249499388
      0.3011128436
      0.2414157939
      0.2218665631
      0.2911212465
     -0.1248083285
      0.1234067034
      0.1284564029
      0.1855586086
      0.1981660731
     -0.0864370647
     -0.2212542619
      0.0735030634
      0.0282033889
     -0.1482414605
     -0.1873598671
      0.2566830090
     -0.1429757991
     -0.4241769756
      0.2353004797
     -0.5516015382
      0.3821295993
      0.0157734139
      0.1070527171
     -0.0708828931
     -0.0061882799
      0.1411463298
      0.0753746241
     -0.6444098333
     -0.3346552835
      0.2403808263
      0.2150652857
      0.0715234977
      0.0630336706
     -0.3415760714
      0.0473050124
     -0.0646680514
     -0.2366747796
     -0.0676395087
     -0.0422994801
     -0.1755541996
     -0.1814895922
      0.1364216184
      0.2661211589
      0.1224562573
     -0.2787192339
      0.0301903086
     -0.1974776308
      0.0445369535
     -0.1620154266
      0.0006982174
     -0.1733128624
      0.6791732096
      0.2081468306
      0.2685658915
      0.2645319956
      0.0487729237
      0.1694682133
      0.3524406593
     -0.1251058055
      0.2376925263
     -0.1109109591
     -0.2835211199
      0.0675323174
      0.0391687284
     -0.4866643906
      0.4497381235
      0.1404930369
      0.1283316441
     -0.3202703837
     -0.1899468391
     -0.1919731420
      0.0036689520
     -0.0197883340
      0.0654482092
     -0.1366801576
      0.2550701127
     -0.1071995124
      0.0596380835
     -0.0823886091
      0.0842240097
     -0.0102614964
     -0.1364486739
     -1.1834334748
      0.3695531467
      0.0685641195
     -0.2004020424
     -0.2341433015
     -0.2212370049
      0.4480937904
     -0.1724880276
     -0.0804887512
     -0.6780800586
      0.0061465958
     -0.1043994525
     -0.3145132495
     -0.3966294368
      0.3175514854
      0.1499081894
      0.5792017057
     -0.0724547193
     -0.1952358171
      0.3020459423
      0.1494323016
     -0.2210975520
     -0.0461888464
     -0.0512537026
      0.0031774900
     -0.3802844161
      0.4710692325
     -1.0681858372
      0.2888272455
      0.0683768423
      0.1088825705
     -1.0177503578
     -0.4391314887
      0.0890080867
      0.9078985335
      0.1462355147
     -0.3147427580
     -0.0438398035
     -0.3918874652
      0.0974355033
     -0.0306367923
     -0.8612906574
     -0.1615212308
      0.3613818289
      0.2225680904
      0.1824671021
     -0.0115568706
      0.9321549676
     -2.2300703710
     -0.0040789846
      0.2701078586
     -2.1924015829
      0.1587671525
     -0.3884652252
      0.2372923487
     -1.1059263092
     -0.9171113157
     -0.8346381755
      0.0055106908
     -0.2061781653
      0.0983357502
      0.7973906794
     -0.1444943032
     -0.2064292153
      1.2866025060
     -4.3441674471
     -0.6046483006
     -0.4054449890
     -0.0860683571
     -0.1388101549
     -0.1497187175
      0.1183527605
     -0.4964480436
      0.3366246048
      0.2839548832
      0.1638942359
      0.1375578361
     -0.1818208101
      0.0905587883
      0.1320972014
     -0.3899166753
     -0.0448750564
      0.1075102125
      0.1056228935
     -0.0343684178
      0.1171457000
      0.1864691413
      0.2167062967
      0.1636346009
     -0.2005639206
     -0.0854083483
      0.0914018164
     -0.1473618518
      0.2628426477
      0.0621486026
      0.0954950313
     -0.2137171147
      0.0558947670
     -0.1726247673
      0.3439334549
      0.1102529306
      0.1947045625
     -0.1815535916
      0.1449165562
      0.0325964117
      0.0775101927
      0.2669811857
      0.1085989119
      0.0294689480
      0.1706938115
     -0.1072982547
      0.1626382613
     -0.1069594366
      0.0124472409
     -0.1653623514
      0.1900417502
      0.3783542890
      0.2773903384
     -0.3115120289
      0.2514360248
      0.1133765442
     -0.1239396514
     -0.2340020267
     -0.0271369099
     -0.2446636330
     -0.2557887654
      0.1570677283
     -0.0673808067
     -0.1407762248
      0.0257008276
     -0.2347648841
     -0.2949296529
      0.2129863268
     -0.2567152548
     -0.1558698219
      0.2988785668
     -0.2627311525
     -0.1991363219
      0.0702183370
     -0.1088948175
      0.1376378817
     -0.1087364175
      0.0522351811
      0.2205407380
     -0.2926857274
     -0.2193725700
      0.4303868221
     -0.0848891065
      0.2999592558
     -0.3056556689
     -0.0714734005
     -0.1658736754
     -0.4142346307
     -0.1829501264
     -0.1804428848
      0.2919238630
      0.2175329232
     -0.0338896311
      0.0045031163
      0.2429034387
      0.0191350009
     -0.4253686801
      0.0350431701
     -0.0312051537
      0.2919308981
     -0.1093339229
      0.2299904891
      0.1328449069
     -0.0426933692
     -0.1561691686
      0.0869405543
      0.0192163301
      0.2070427786
     -0.0524089094
      0.4229569086
     -0.0662431512
      0.0572587962
     -0.3796431391
      0.1508947845
     -0.2172673996
     -0.0604994790
      0.2221756076
     -0.1236121964
     -0.1628356013
      0.2197317828
     -0.2136975024
     -0.0231416913
      0.2362227755
      0.1201270142
      0.2731001248
     -0.2447178438
      0.4079085912
      0.3831816408
      0.0039252697
     -0.5411044240
      0.2317105294
     -0.3051704197
      0.2942759140
     -0.2566230228
      0.3419909574
      0.0890934966
      0.2244176036
     -0.2100234299
      0.2617847412
      0.2591672503
      0.1579241810
     -0.3875095486
     -0.1929341111
      0.1387221808
      0.8314461752
      0.3686250291
     -0.3006265613
      0.4492381880
     -0.0579043433
      0.2094109590
     -0.4340991592
      1.2145106930
     -0.4135700070
      0.0133053529
      0.6710025458
      0.0717198165
     -0.1390907128
      0.0706380270
      0.2482547235
      0.5932518524
      0.3741309301
      0.0423176896
     -0.0966809760
     -0.1495755147
     -0.2228985079
      0.1033821454
     -0.2436582849
      0.3341483762
      0.7639307542
     -0.2110367687
     -0.0068615966
      0.0148965160
     -0.2818406321
      0.3199156428
      0.3124292982
      0.5739127314
      0.5598870683
     -0.1714304774
      0.2438608381
      0.2428090743
      0.3259541287
     -0.2866119119
      0.0932711992
     -0.2730071625
      0.6072622020
     -0.1774273940
      0.0071572553
     -0.2662810698
     -0.1062269384
     -0.1770190140
     -0.2762085658
      0.1286896155
      0.0634674773
      0.1133875930
      0.0632252468
      0.0105253700
      1.6135877684
     -0.0871049866
      0.3086364433
     -0.1188850945
     -0.2475005086
     -0.5370807078
     -0.8402879859
     -0.2473068463
     -1.4119754411
     -0.7274619810
     -0.3469288090
     -0.0351090430
      0.5359067520
      1.1495665354
      0.5013839314
      1.3577211848
      0.0455908541
     -0.1746262341
      0.5345460425
     -0.1330801012
      0.4822059551
     -1.1653425416
     -0.4765680817
      1.9764748445
      1.0901479125
     -0.5360396098
      0.2986082888
      0.0834147487
      0.5264144814
      0.2658874963
     -1.1041078584
     -0.5306069142
     -0.1447113237
     -0.1649623146
      0.2850014452
      0.4834749537
      2.0150700905
     -0.4966232780
     -0.7488589998
      0.8277506660
     -0.0822277408
      0.2573897689
     -0.6660586127
      0.3588434791
      0.4962301454
      0.2239223589
     -0.3607898561
     -0.0418856306
      0.2095538778
      0.2384104151
     -1.0619326548
      0.3633199595
     -0.6465852078
      0.5445200500
      0.0739981771
     -0.2413226123
      0.1022526503
      0.0827201600
      0.6180870794
     -0.0891546330
     -0.2075355711
      0.9693633072
      0.1409266070
     -0.4237238880
      0.0282401427
      0.2472292929
     -0.2294085827
      0.5424438555
     -0.4728575597
      0.7135221181
      0.0389822146
      0.0505996952
      0.0403979984
     -0.1258230184
      0.1202457692
     -0.2763475055
      0.6791754812
     -0.7897910979
      0.4042228996
     -0.1925088780
      0.1882375628
      0.5278019799
     -0.0191045458
      0.7817003705
      0.1584791867
      0.5229657642
      0.4405165639
     -0.3553749655
      0.1442613314
     -1.8460332391
     -0.4527746869
      0.6548635621
      0.6941588423
     -0.0163861506
      0.3382400361
      0.2580996427
     -0.2286092457
     -0.1366267729
      0.7970150195
      0.2989931214
     -0.3955178540
      0.4257730512
      0.4778864009
     -0.1841693262
     -0.5650353284
      0.2350445117
      1.1020583935
      0.0218193158
      0.1645227957
      0.8802919981
      0.2908971299
      1.1488595180
      0.8810852375
      1.5730864425
      0.3698892499
     -0.5649518622
      0.3103764610
     -0.1502237522
     -0.2867287276
      1.1710154816
      0.1107431072
     -0.4903524703
      0.0028379217
     -0.2404453376
     -0.5588715641
     -0.0841128605
     -0.5837598828
     -0.7108653230
      0.7638930527
     -0.1293143730
     -0.5053126713
      0.0849114996
     -0.2905971808
      0.2266025128
     -1.3116408445
     -0.5442813886
     -0.0158963056
      0.4411216186
      0.4156153163
     -0.2270998030
      0.4472607078
      0.7312740568
      0.8207460673
     -0.6900665991
     -0.2971717626
      0.5544445802
     -0.6120012205
      0.1045306765
      0.2759963194
     -0.5896553458
     -0.6839688545
      0.3725567155
      0.1723685093
     -0.2515592243
     -0.9990010567
      0.4395024525
     -0.7069296643
      0.5336487424
     -0.2810717157
     -0.8482984124
      0.1497439394
      0.2371965708
     -0.8410116232
      0.1622464412
     -0.1386308242
      0.1687541000
      0.2386765855
     -0.3045475987
     -0.8380396929
      0.4934944260
      0.4388316756
      1.2443353340
     -0.5233872574
      2.0093558912
      0.1567737769
      0.0298951073
     -0.2767716546
     -0.8202503980
      0.2094760520
     -0.9425172280
      0.6115492855
      1.5625575991
     -0.3243749948
     -0.6365531761
     -0.1054712897
      1.4237514389
     -0.4427832768
     -0.5051318813
     -0.0578784496
     -0.1180909312
      0.7546172248
      0.1391808756
     -0.0902509592
     -0.0406923283
     -0.0104993310
      0.1523541559
      0.3864774788
     -0.1802170436
     -0.0752968319
     -0.4314618737
      0.1940194635
      0.4810043051
      0.1388847671
      0.3989974482
     -0.2609520314
     -0.6942160579
      0.4280129744
      0.4436836960
     -0.0659409355
     -0.6348764433
     -0.4060287456
     -0.7298935656
     -0.4087913457
      0.6064662605
     -0.4559061920
     -0.7847339111
      0.2823049287
      0.2926052498
     -0.5800983165
     -0.2806763591
      0.1591291425
     -1.1307505698
      0.8524268347
     -0.6725204539
      0.3723512023
     -0.7431920760
     -0.1686125712
      0.1182223145
      0.4663532238
      0.2486137782
     -1.0656206717
      0.5304570226
      0.9304294696
     -0.3667582913
     -0.0937725550
     -0.3496511916
     -0.2914998885
     -0.4931869415
      0.0193728710
      0.1892885829
     -0.6274621956
     -1.1282190096
      0.1573372198
     -0.4516495065
      0.2439320024
     -0.2370944660
      0.3477883734
     -0.0409406249
      0.0053543055
     -0.4398039808
     -0.6740820995
     -0.6724060529
     -0.4035445596
     -0.4839336277
      0.0719905688
      0.0141043988
     -0.8721394738
      0.3364095156
      0.1392878474
      0.4495191793
      0.3059087087
      0.0546165008
     -0.2726910081
     -1.0790699147
     -0.8417002528
      0.2838408223
      0.8898704830
     -0.1982340852
      0.0418469759
      1.4542029154
     -0.4339360866
      0.2581371442
      0.3949519775
      0.6430793762
      1.0062687846
     -0.5137146861
      0.6163284334
      0.6688449711
     -0.0270199858
     -0.2809873676
     -0.3389946560
     -0.4040307802
      0.2695003442
     -0.4130215652
     -0.4280537399
      0.1115952444
     -0.9773733214
     -0.5870524813
      0.3056036827
     -0.5678824086
     -0.4092232979
      0.5203166276
     -0.2805832896
      0.3490358004
     -1.1317852914
     -0.8425825476
     -0.6099945463
      0.5005773897
     -0.4122075800
      0.3240425090
      0.8935784569
      0.6366403478
     -0.3332818705
     -0.0854549969
      0.3757748859
     -0.7140778020
      0.5225704545
      0.5124768548
      0.2217223760
      0.1294864401
     -0.7389556647
     -0.6998389014
     -0.3729569330
      1.4181241419
     -0.4367530578
     -0.2758473476
      0.1847201626
      1.4682164564
      0.1828544814
      0.0625500229
     -0.1659372457
      0.1400093369
      0.8567256238
     -0.1204133554
      0.6541732948
      0.5672681396
     -0.2132582764
     -0.2216351801
      0.0678608245
      1.4124022160
     -0.0245780087
     -0.0391953938
     -0.1101517288
     -0.0119932079
     -1.0503336046
     -0.4111603031
      0.5281331179
      0.6783119356
     -0.4192398677
      0.2346634553
      0.0155333542
      0.5186397842
      0.0637992054
     -0.2116928434
      0.4541448850
      0.2884148731
      0.0756729656
      0.3714472041
     -1.1423338374
      0.2883934160
     -0.3753533119
      0.2096099482
     -0.3475162199
      0.5438036158
     -0.5011577200
     -0.1946716746
     -0.1669138118
     -0.4414020136
     -0.4662848492
      0.2621531703
     -0.0601720092
      0.2325197260
     -0.1577509698
     -1.0056267192
      0.0034374835
      0.2806886173
     -0.1401760477
      0.3852873952
     -0.7481247150
     -0.2664436024
      0.2065757382
     -0.2709357943
     -0.5897411573
     -0.8353217089
      0.2987741850
      0.0265526114
     -0.2451613310
     -0.5248085128
     -0.2286279442
      0.1255311874
     -0.4622362863
      0.0837314098
     -0.0513211808
     -0.0612586702
     -0.9926863409
      0.1180944305
      0.0142166163
     -0.3763275783
     -0.1761951354
      0.4001633740
     -0.1019656324
     -0.4081849339
     -0.3606577758
      0.6330180030
      0.2727898832
     -0.3339413727
      0.3265920577
     -0.8520240470
      0.4602227704
     -0.4267084073
     -0.1993162365
     -0.0376300149
      0.2626881559
     -0.2055520128
     -0.2182841877
      0.1809556899
      0.3290393083
      0.3223805472
      0.1731615674
      0.3661027825
     -0.5081005503
      0.1220570126
     -0.4336768593
     -0.1047830837
      0.8420160902
     -0.3729652995
     -0.2534063055
     -0.7344273426
      0.0548255789
     -0.6455183427
     -0.1554474253
     -0.7688298982
      0.2682039131
      0.1696304888
     -0.1463911876
      1.4507397289
     -1.4330073774
     -0.2220722958
      0.2183362059
     -0.1190512235
     -0.7115720221
     -0.4677852423
     -1.2696728907
      0.1424211951
     -0.4624902092
     -0.2134732014
      0.1583581483
     -0.0461411085
     -0.6956027610
      0.4042224783
     -0.1449716380
     -0.6705120566
     -0.0392896270
     -0.3264556573
      1.3903916279
     -0.1339404414
      0.0179088873
      0.1383002474
     -0.1229008167
     -0.4826622570
     -0.3507206397
     -0.2264231391
     -0.2670963832
      0.0291656512
     -0.3368949537
      0.0389228176
     -0.6029590901
      0.3830089766
     -0.2739884712
     -0.0966965177
      0.2792782824
     -0.1577182697
     -0.5039793953
     -0.0239017189
      0.7762737881
      0.1355854732
     -0.1860610678
      0.9920983899
      0.2553808813
     -0.4633305842
      0.3793085127
     -0.3351876225
      0.5911965429
     -0.5824732372
      0.5532685216
      0.6710486116
      0.3417994706
      0.0641229238
     -0.2286247664
      0.1531919700
     -0.4084778817
     -0.9044563435
     -0.4970128859
     -0.5163845871
     -1.3183450925
     -0.5009069177
     -0.0558895942
      0.5313895542
      0.8478037638
      0.7784610233
      0.0182424789
     -0.2160797934
     -0.3258838719
      0.1596364822
      0.4102016400
     -1.0911681305
     -0.3949330504
     -0.4807849950
     -0.5717947559
     -0.2779958096
     -0.2576547872
     -0.3988987440
     -0.5190864674
      0.8181831754
     -0.2748544163
     -0.3775658171
      0.3328594287
      0.7628440948
     -0.6266611901
      0.2852883557
      0.0719636725
      0.7971323965
     -0.3665739452
      0.2542524397
      0.8620941893
     -0.5784615411
      0.3497419453
      0.4666822265
     -1.2829481158
     -0.0142390039
     -0.0333838638
      0.6647269652
     -0.7746804571
     -1.0544820172
      0.2818853908
     -0.1940575542
      0.1061276540
     -0.5172915844
     -0.5487106871
      1.2747634681
     -0.5740924549
     -0.9118401132
     -0.6628660836
     -0.5533977799
      0.0136982651
      0.4123577023
     -0.7072251402
     -0.0189410735
     -0.3525047267
      0.2732048707
      0.8764866420
     -0.1228724997
     -0.4089272616
     -0.2125966723
      0.6922220965
      0.8185533972
     -0.8158086737
      0.2379915224
     -0.0065258336
      0.0589294174
     -0.8317052072
      0.6009731575
     -0.1985067985
      0.2280603938
      0.2482548880
      0.7143467717
     -0.3342803384
      0.1777550835
     -0.1412202912
     -0.1550182478
     -0.8985673101
      0.7917849552
     -0.8147202537
      0.0966054856
      0.2003324581
      0.5141385419
      0.3163407559
      0.2217114836
      0.0169846891
     -0.4197061696
     -0.3392460842
      0.5777824832
      0.0445658215
     -0.4468939288
      0.1439998067
     -0.1513255591
     -0.4140665197
     -0.0064244769
     -0.2365585721
     -0.2558828647
      0.5617598434
     -0.3397526807
      0.5378555787
      0.7293253663
     -0.7607190690
      0.4265394748
      0.0718764161
     -0.9679337098
     -0.1803226374
      0.3174784289
     -0.1148987268
     -0.2332390502
      0.1134990140
      0.1126470801
      0.5301770641
      0.1558034733
     -0.3099127294
     -0.0628043279
      0.6284842880
      0.0017284512
     -1.4119594241
     -1.0848558958
     -0.8971637599
     -0.3305841330
      1.0781176169
      1.7236920802
      1.0013703658
      0.3413581553
      0.3667042489
      1.0442009941
     -0.7433705813
     -0.0610552209
     -1.2190522124
      0.5533887160
      0.5285268287
     -0.7433519639
     -0.1164089312
      1.0078136803
      1.3023171040
      0.8007595728
      1.1184858745
      0.2364825485
      1.1669966472
      0.1331464453
      0.2330427358
     -0.0552203211
     -0.0418795540
     -0.4384456778
     -0.1029193179
     -0.1682388266
     -0.3143753079
     -0.3569342269
     -0.4033142989
      0.2452186006
      0.2916203047
     -0.5307393026
      0.2778596056
      0.3856045867
     -0.2009851406
     -0.3702082804
      0.0964907082
     -0.3368222890
      0.0737359360
     -0.3680045867
      0.1223376231
      0.0643731411
      0.2498683975
      0.2264042843
      0.1590841057
