################################################################################
# Neural network connection values (weights and biases).
################################################################################
# Col  Name       Description
################################################################################
# 1    connection Neural network connection value.
# 2    t          Connection type (a = weight, b = bias).
# 3    index      Index enumerating weights.
# 4    l_s        Starting point layer (end point layer for biases).
# 5    n_s        Starting point neuron in starting layer (end point neuron for biases).
# 6    l_e        End point layer.
# 7    n_e        End point neuron in end layer.
################################################################################
#                      1 2         3     4     5     6     7
#             connection t     index   l_s   n_s   l_e   n_e
############################################################
 -4.3426566864383025E+00 a         1     0     1     1     1
 -2.3543661470301163E+00 a         2     0     1     1     2
 -5.4035689271677798E+00 a         3     0     1     1     3
 -2.8307778697298036E+00 a         4     0     1     1     4
 -2.5173690455266819E+00 a         5     0     1     1     5
  2.1623085015264292E+00 a         6     0     1     1     6
 -2.5807807446467832E+00 a         7     0     1     1     7
  2.5960182905793161E-01 a         8     0     1     1     8
  3.5262452644875846E+00 a         9     0     1     1     9
 -1.4215991865296500E+00 a        10     0     1     1    10
  7.3129364674014079E+00 a        11     0     1     1    11
  1.0587570796971120E+00 a        12     0     1     1    12
 -1.3521771383347843E+00 a        13     0     1     1    13
  3.1475206093951584E+00 a        14     0     1     1    14
  3.2142683297682622E+00 a        15     0     1     1    15
  9.4414626855701105E+00 a        16     0     1     1    16
 -6.0997547981537892E+00 a        17     0     2     1     1
  4.5177243144829058E+00 a        18     0     2     1     2
  1.4372478610317383E+01 a        19     0     2     1     3
  1.5131551927181816E+01 a        20     0     2     1     4
 -6.7707647930193160E-01 a        21     0     2     1     5
 -2.1326935949682206E+01 a        22     0     2     1     6
  6.4553260186207473E-01 a        23     0     2     1     7
  4.4517445432316300E+00 a        24     0     2     1     8
  5.8686315430141323E-01 a        25     0     2     1     9
  3.3406149428162686E+00 a        26     0     2     1    10
 -1.2146494362535096E+01 a        27     0     2     1    11
  7.5825144353862406E+00 a        28     0     2     1    12
 -7.9734402643587121E-01 a        29     0     2     1    13
 -6.3310466297460550E+00 a        30     0     2     1    14
 -2.6034729072212648E+00 a        31     0     2     1    15
 -1.6049098310203437E+01 a        32     0     2     1    16
 -1.7391153052394206E+00 a        33     0     3     1     1
 -4.0737849294536721E+00 a        34     0     3     1     2
  5.9747776399098447E+00 a        35     0     3     1     3
  1.0587656172808366E+01 a        36     0     3     1     4
 -1.5012834670490212E+01 a        37     0     3     1     5
 -6.8227170497459211E+00 a        38     0     3     1     6
 -6.0967722256267933E+00 a        39     0     3     1     7
  1.2477086368262883E+01 a        40     0     3     1     8
  7.8420078915296836E+00 a        41     0     3     1     9
  2.2520335000594915E+00 a        42     0     3     1    10
 -4.2285710496590401E+00 a        43     0     3     1    11
 -2.6726092506763806E+00 a        44     0     3     1    12
 -9.1789960333208018E+00 a        45     0     3     1    13
 -1.2901194946229724E+01 a        46     0     3     1    14
 -1.0774954421216750E+01 a        47     0     3     1    15
  1.0930512077646105E+01 a        48     0     3     1    16
  4.3019106863812242E+00 a        49     0     4     1     1
 -4.3372484832648901E+00 a        50     0     4     1     2
 -2.1291335440894688E+01 a        51     0     4     1     3
 -1.3420121689969610E+01 a        52     0     4     1     4
  2.7328957581646631E+00 a        53     0     4     1     5
  1.7939080940924661E+01 a        54     0     4     1     6
  6.2938529401994252E+00 a        55     0     4     1     7
 -4.6783975038099035E+00 a        56     0     4     1     8
  1.9418447220380466E+00 a        57     0     4     1     9
 -1.0054552105856005E+00 a        58     0     4     1    10
  1.3453330339358816E+01 a        59     0     4     1    11
 -1.0550463558033265E+01 a        60     0     4     1    12
 -1.2206589295061250E+00 a        61     0     4     1    13
  1.1025316812021702E+01 a        62     0     4     1    14
  9.5640383701580667E-01 a        63     0     4     1    15
  1.2379087114535539E+01 a        64     0     4     1    16
 -3.2395452370293536E+00 a        65     0     5     1     1
  4.1740618460629948E+00 a        66     0     5     1     2
 -3.3004826976239130E+00 a        67     0     5     1     3
 -1.1309884561258052E+01 a        68     0     5     1     4
  1.0048954187312280E+01 a        69     0     5     1     5
  1.0437690720410102E+00 a        70     0     5     1     6
  1.4356744233236016E+01 a        71     0     5     1     7
 -1.4594474431435922E+01 a        72     0     5     1     8
 -8.7602100491796406E+00 a        73     0     5     1     9
 -6.3367129405079057E+00 a        74     0     5     1    10
  4.1799852030844313E+00 a        75     0     5     1    11
 -1.1135945036446030E+01 a        76     0     5     1    12
  9.3310101426332270E+00 a        77     0     5     1    13
  9.5092281286945379E+00 a        78     0     5     1    14
  1.4381699057519713E+01 a        79     0     5     1    15
 -2.3250253045181477E+01 a        80     0     5     1    16
  3.8416530073798953E+00 a        81     0     6     1     1
  3.4122647380546773E+00 a        82     0     6     1     2
  3.6518849401436491E-04 a        83     0     6     1     3
 -6.4397206394205819E-01 a        84     0     6     1     4
  8.7680421476263326E-01 a        85     0     6     1     5
 -1.3271880778269534E+00 a        86     0     6     1     6
  2.4192194828707603E+00 a        87     0     6     1     7
 -4.5514244477817634E-01 a        88     0     6     1     8
 -2.7255990898012912E+00 a        89     0     6     1     9
 -1.2787982561805078E+00 a        90     0     6     1    10
 -6.6124623175121240E+00 a        91     0     6     1    11
 -1.3081927339750576E+00 a        92     0     6     1    12
 -6.5940522692610348E-01 a        93     0     6     1    13
 -3.4810614264331408E+00 a        94     0     6     1    14
 -2.7027654991348045E+00 a        95     0     6     1    15
 -6.9262006759620025E+00 a        96     0     6     1    16
 -6.5354289443310132E-01 a        97     0     7     1     1
  2.8120374714043500E-01 a        98     0     7     1     2
  5.5184926979937288E+00 a        99     0     7     1     3
  1.8708873567093626E-01 a       100     0     7     1     4
 -6.9092812551574012E-01 a       101     0     7     1     5
 -9.5642357224821528E-01 a       102     0     7     1     6
 -3.0406463890224611E+00 a       103     0     7     1     7
  1.5817641642212850E+00 a       104     0     7     1     8
 -1.0971707676348401E+00 a       105     0     7     1     9
 -6.0187969093258881E-02 a       106     0     7     1    10
 -3.6875840215147755E+00 a       107     0     7     1    11
  4.1944178407057366E+00 a       108     0     7     1    12
  2.1363889559538934E-01 a       109     0     7     1    13
 -2.6581665005600343E+00 a       110     0     7     1    14
  6.0006656090986399E-01 a       111     0     7     1    15
  3.9848431183241850E-01 a       112     0     7     1    16
  3.7296331534620544E+00 a       113     0     8     1     1
 -4.0788077018135936E-03 a       114     0     8     1     2
  2.6701147684825333E-01 a       115     0     8     1     3
  4.1797305529027229E+00 a       116     0     8     1     4
  9.1576619010823634E-01 a       117     0     8     1     5
  3.6772300950007355E+00 a       118     0     8     1     6
 -5.5343431696299916E+00 a       119     0     8     1     7
  3.2002698890250851E+00 a       120     0     8     1     8
  2.2605479491542821E+00 a       121     0     8     1     9
  1.8340877676455878E+00 a       122     0     8     1    10
 -3.8574109432644405E-01 a       123     0     8     1    11
  7.9831661935359026E+00 a       124     0     8     1    12
 -2.7811913392616865E+00 a       125     0     8     1    13
  7.6827106069110207E-01 a       126     0     8     1    14
 -2.0261211896965441E+00 a       127     0     8     1    15
  7.9325764307106406E+00 a       128     0     8     1    16
 -1.1259950539380579E+00 a       129     0     9     1     1
 -1.0533146534433506E+00 a       130     0     9     1     2
  5.5684768323282718E-01 a       131     0     9     1     3
  8.2854347977589116E-01 a       132     0     9     1     4
 -4.9973689227383156E-02 a       133     0     9     1     5
  1.4293376074458164E-01 a       134     0     9     1     6
 -1.1212143206957661E+00 a       135     0     9     1     7
  4.3875703670991645E-01 a       136     0     9     1     8
  1.1828652661845354E+00 a       137     0     9     1     9
  1.3092453964498516E+00 a       138     0     9     1    10
  2.5195498552731808E+00 a       139     0     9     1    11
  1.0240688045924782E+00 a       140     0     9     1    12
 -3.9242836629477661E-02 a       141     0     9     1    13
  1.7563267987283802E+00 a       142     0     9     1    14
  1.3457483829321326E+00 a       143     0     9     1    15
  2.2933998867557959E+00 a       144     0     9     1    16
  5.5460895764773426E+00 a       145     0    10     1     1
 -8.8435540056257214E+00 a       146     0    10     1     2
  1.6707203219627090E+01 a       147     0    10     1     3
  8.3853170993058708E+00 a       148     0    10     1     4
  1.7633608909509906E+01 a       149     0    10     1     5
 -8.6234778641668086E+00 a       150     0    10     1     6
  4.6573132147378731E+00 a       151     0    10     1     7
 -4.4065446563187782E+00 a       152     0    10     1     8
 -2.0267429326050097E+00 a       153     0    10     1     9
 -5.8243087153564943E+00 a       154     0    10     1    10
 -5.7684319313072707E-01 a       155     0    10     1    11
 -2.7732362515239650E+00 a       156     0    10     1    12
  5.6504590281900722E+00 a       157     0    10     1    13
 -4.1388048683374024E+00 a       158     0    10     1    14
 -8.2468587453157127E+00 a       159     0    10     1    15
 -2.0286592995310517E+00 a       160     0    10     1    16
  3.0888292980380201E+00 a       161     0    11     1     1
  5.5283622120245886E+00 a       162     0    11     1     2
  1.0687711834136955E+01 a       163     0    11     1     3
  2.0716721404913918E+00 a       164     0    11     1     4
 -2.6927960371788564E+00 a       165     0    11     1     5
  5.2434572176886638E+00 a       166     0    11     1     6
 -6.7189237286876402E+00 a       167     0    11     1     7
 -4.3811197009870355E+00 a       168     0    11     1     8
 -7.5991265545451565E+00 a       169     0    11     1     9
 -1.4840842193951309E+01 a       170     0    11     1    10
  4.4962742505558548E+00 a       171     0    11     1    11
 -3.8755344712905502E+00 a       172     0    11     1    12
 -2.7831025158241149E+00 a       173     0    11     1    13
 -1.5471061720841142E+01 a       174     0    11     1    14
 -7.6107086682978906E+00 a       175     0    11     1    15
  2.2510087452985655E+01 a       176     0    11     1    16
 -4.0117919231450712E+00 a       177     0    12     1     1
 -6.4713702535754547E-01 a       178     0    12     1     2
 -1.0534623041761849E+01 a       179     0    12     1     3
 -3.8301436110635496E+00 a       180     0    12     1     4
 -1.8345632273923902E+00 a       181     0    12     1     5
  2.9174637750528882E+00 a       182     0    12     1     6
 -6.5392169236080964E+00 a       183     0    12     1     7
 -6.9638889210053003E+00 a       184     0    12     1     8
 -5.7234267869309603E+00 a       185     0    12     1     9
  6.8756554200092452E+00 a       186     0    12     1    10
 -9.7708346686791501E+00 a       187     0    12     1    11
  1.1334942350289939E+01 a       188     0    12     1    12
 -1.6387002582327992E-01 a       189     0    12     1    13
  6.8645464339007018E+00 a       190     0    12     1    14
  2.3207982148079989E+00 a       191     0    12     1    15
  5.5566442314139621E+00 a       192     0    12     1    16
 -2.6168450127127830E+01 a       193     0    13     1     1
  4.6452868548852706E+00 a       194     0    13     1     2
 -4.1750658244336281E+00 a       195     0    13     1     3
  6.1365191095076472E+00 a       196     0    13     1     4
 -1.1839668339813755E+01 a       197     0    13     1     5
  1.0051299634069645E+01 a       198     0    13     1     6
 -1.2741587392488638E+01 a       199     0    13     1     7
  3.6973964002079851E-01 a       200     0    13     1     8
 -8.4066374770091343E+00 a       201     0    13     1     9
 -6.9148413296999616E+00 a       202     0    13     1    10
 -1.4682006644357132E+01 a       203     0    13     1    11
 -3.2015504858075730E+00 a       204     0    13     1    12
 -3.7826287644183014E+00 a       205     0    13     1    13
 -7.6125526070394676E+00 a       206     0    13     1    14
 -6.6935272508772492E+00 a       207     0    13     1    15
 -9.0456382826612547E+00 a       208     0    13     1    16
  1.2809217394633075E+01 a       209     0    14     1     1
  8.7642392675272838E+00 a       210     0    14     1     2
 -1.2498219234833337E+01 a       211     0    14     1     3
  9.4730575204996796E+00 a       212     0    14     1     4
 -2.5012736141220455E+00 a       213     0    14     1     5
  1.3316924908195084E+01 a       214     0    14     1     6
 -1.8133056358409079E+00 a       215     0    14     1     7
  2.5414403570210569E+00 a       216     0    14     1     8
 -7.7583429455505195E+00 a       217     0    14     1     9
  1.2000517219324948E+01 a       218     0    14     1    10
  5.0624115176547333E+00 a       219     0    14     1    11
  1.2960869514464852E+01 a       220     0    14     1    12
 -7.1472263110458165E+00 a       221     0    14     1    13
 -3.9441580818766102E+00 a       222     0    14     1    14
  5.9590137692804968E+00 a       223     0    14     1    15
 -2.5356077683315541E+00 a       224     0    14     1    16
 -1.0995696411930649E+00 a       225     0    15     1     1
 -1.5513935934613718E+01 a       226     0    15     1     2
 -1.0420495729676427E+00 a       227     0    15     1     3
 -2.2821447843537856E-01 a       228     0    15     1     4
  1.8114522348268299E+01 a       229     0    15     1     5
  6.1434891639944400E+00 a       230     0    15     1     6
  2.5089761987622332E+01 a       231     0    15     1     7
 -2.8114215964682843E-01 a       232     0    15     1     8
 -7.6861639833662077E-01 a       233     0    15     1     9
 -6.4136263149180159E+00 a       234     0    15     1    10
 -1.0123638467404923E+01 a       235     0    15     1    11
  9.2763623853553323E+00 a       236     0    15     1    12
  3.1689974877553595E+01 a       237     0    15     1    13
  7.4669738959391943E+00 a       238     0    15     1    14
  5.9196652648370982E+00 a       239     0    15     1    15
 -1.1691267652883244E+01 a       240     0    15     1    16
 -6.5059968579188183E+00 a       241     0    16     1     1
  1.2174287382681607E+01 a       242     0    16     1     2
  2.6476561939415513E+00 a       243     0    16     1     3
  1.0500515153637215E+01 a       244     0    16     1     4
  8.5575765233728642E+00 a       245     0    16     1     5
 -1.2899786629689251E+01 a       246     0    16     1     6
  4.4219269676689583E+00 a       247     0    16     1     7
 -4.9053596934748023E-01 a       248     0    16     1     8
  5.7376804915553210E+00 a       249     0    16     1     9
  5.4904578291963162E+00 a       250     0    16     1    10
  5.6292118235359112E+00 a       251     0    16     1    11
  4.8226257375617640E+00 a       252     0    16     1    12
  8.8389228427502733E+00 a       253     0    16     1    13
  1.1689933673556062E+01 a       254     0    16     1    14
 -3.5658665121876481E+00 a       255     0    16     1    15
  4.4206851699838143E+00 a       256     0    16     1    16
  1.2370512227568924E+00 a       257     0    17     1     1
 -5.2004545263151112E+00 a       258     0    17     1     2
 -7.9645247869096645E+00 a       259     0    17     1     3
 -7.7127703846082807E-01 a       260     0    17     1     4
  1.4157151437666540E+00 a       261     0    17     1     5
  2.7609578077064429E+00 a       262     0    17     1     6
  3.9416951020526727E+00 a       263     0    17     1     7
  2.1404066500000605E+00 a       264     0    17     1     8
  3.1367751964033235E+00 a       265     0    17     1     9
 -1.0352556383520253E+00 a       266     0    17     1    10
 -1.7461502125699837E+00 a       267     0    17     1    11
  9.7939002471992775E-01 a       268     0    17     1    12
  3.0967273326436424E+00 a       269     0    17     1    13
 -1.7093452125955184E+00 a       270     0    17     1    14
  2.8581833235951817E+00 a       271     0    17     1    15
  2.3509123843124837E+00 a       272     0    17     1    16
 -8.1062270256865754E-01 a       273     0    18     1     1
  9.9885065070665224E-01 a       274     0    18     1     2
 -5.4996239318053890E+00 a       275     0    18     1     3
  3.9567033799765197E+00 a       276     0    18     1     4
  4.3943470084808327E+00 a       277     0    18     1     5
 -5.8710399309243559E+00 a       278     0    18     1     6
  5.3742621327752644E+00 a       279     0    18     1     7
 -7.4103220019554894E-01 a       280     0    18     1     8
  2.5549403239085176E+00 a       281     0    18     1     9
  1.7780506792509072E+00 a       282     0    18     1    10
  4.5204753357521241E+00 a       283     0    18     1    11
  5.6848343517684992E+00 a       284     0    18     1    12
  4.3581226710689540E+00 a       285     0    18     1    13
  6.6812242048468979E+00 a       286     0    18     1    14
 -4.0615336241001341E+00 a       287     0    18     1    15
  3.0332858973341166E+00 a       288     0    18     1    16
 -9.5920929887551354E-02 a       289     0    19     1     1
  6.5737506208010883E+00 a       290     0    19     1     2
 -2.3636046964118407E+00 a       291     0    19     1     3
 -1.6998294500155131E+00 a       292     0    19     1     4
 -2.8538139347900454E-01 a       293     0    19     1     5
 -8.1297456863613942E+00 a       294     0    19     1     6
  4.0300820727523199E+00 a       295     0    19     1     7
 -4.3080090013509442E-01 a       296     0    19     1     8
  1.7905481834151935E+00 a       297     0    19     1     9
 -7.8375824183853311E+00 a       298     0    19     1    10
  6.7004430394603798E+00 a       299     0    19     1    11
 -1.1468821086015584E+00 a       300     0    19     1    12
  4.2494651283164293E+00 a       301     0    19     1    13
  1.0437392154541352E+00 a       302     0    19     1    14
 -1.3935899732905919E+00 a       303     0    19     1    15
 -4.3228589421508543E+00 a       304     0    19     1    16
 -1.6178452819617078E+01 a       305     0    20     1     1
  1.3502108169227366E+01 a       306     0    20     1     2
 -5.9657534301453357E+00 a       307     0    20     1     3
 -3.0863942298513436E+00 a       308     0    20     1     4
 -3.2508473419391436E+01 a       309     0    20     1     5
  4.2975425289393288E+00 a       310     0    20     1     6
 -4.9771558343380669E+00 a       311     0    20     1     7
 -1.5298590342069029E+00 a       312     0    20     1     8
 -1.5774505351080725E+01 a       313     0    20     1     9
  4.2757285096091016E+00 a       314     0    20     1    10
 -1.5654257881541930E+01 a       315     0    20     1    11
  1.8060114718820607E+01 a       316     0    20     1    12
  7.1479713277146240E-01 a       317     0    20     1    13
  1.1542664579389362E+01 a       318     0    20     1    14
  1.3231152155471433E+01 a       319     0    20     1    15
 -6.0050310815355203E+00 a       320     0    20     1    16
 -2.1655490459165643E+00 a       321     0    21     1     1
 -2.9703407989856085E+01 a       322     0    21     1     2
 -1.5183591103552244E+01 a       323     0    21     1     3
 -2.2796946748202465E+01 a       324     0    21     1     4
 -5.0179681249294839E-02 a       325     0    21     1     5
  1.0309822156362263E+00 a       326     0    21     1     6
 -7.2595647813487370E+00 a       327     0    21     1     7
  1.6745193718425852E-01 a       328     0    21     1     8
  3.5411251805828416E-02 a       329     0    21     1     9
  1.5413847282006492E+01 a       330     0    21     1    10
 -1.3209540903122596E+01 a       331     0    21     1    11
  1.4107596060210879E+01 a       332     0    21     1    12
  1.0677670807713239E+01 a       333     0    21     1    13
  2.7484706367182106E+01 a       334     0    21     1    14
  2.2127471188693040E+01 a       335     0    21     1    15
 -2.0205555356936379E+01 a       336     0    21     1    16
  2.3595743580024322E+01 a       337     0    22     1     1
 -1.5787950965586908E+00 a       338     0    22     1     2
  1.2343243896471682E+01 a       339     0    22     1     3
 -6.3673368949403280E+00 a       340     0    22     1     4
  2.0301365068992659E+01 a       341     0    22     1     5
  1.3952793180710358E+01 a       342     0    22     1     6
  1.2005062782246098E+01 a       343     0    22     1     7
  8.1121720204285133E+00 a       344     0    22     1     8
  1.7934604230223153E-01 a       345     0    22     1     9
  9.8442847666747019E-02 a       346     0    22     1    10
  1.3618493428305115E+01 a       347     0    22     1    11
  2.0159276356959479E+00 a       348     0    22     1    12
  2.9774224144455785E+00 a       349     0    22     1    13
 -1.3802863103750601E+01 a       350     0    22     1    14
 -8.3610756014467214E+00 a       351     0    22     1    15
  8.5234735446077643E+00 a       352     0    22     1    16
 -3.7184690875056837E+01 a       353     0    23     1     1
 -3.0532762351940882E+01 a       354     0    23     1     2
  1.1233713736197659E+01 a       355     0    23     1     3
 -2.0907307514315239E+01 a       356     0    23     1     4
 -1.5125628800881081E+01 a       357     0    23     1     5
 -1.4240420823720644E+01 a       358     0    23     1     6
 -3.6390041592365527E+00 a       359     0    23     1     7
 -4.7667234703521970E+00 a       360     0    23     1     8
  1.5182088986278227E+01 a       361     0    23     1     9
 -6.9892340422442807E+00 a       362     0    23     1    10
 -3.3836002994090151E+01 a       363     0    23     1    11
 -2.3685956886603957E+01 a       364     0    23     1    12
 -1.8076817681234305E+00 a       365     0    23     1    13
  7.1134207513656760E+00 a       366     0    23     1    14
 -6.3245574160042688E+00 a       367     0    23     1    15
 -4.5041935024219121E-01 a       368     0    23     1    16
  3.5630744367709120E+01 a       369     0    24     1     1
 -2.4474500996714559E+00 a       370     0    24     1     2
  1.2006054271215186E+01 a       371     0    24     1     3
 -7.5300280477320918E+00 a       372     0    24     1     4
  1.6760311813542323E+01 a       373     0    24     1     5
 -1.4639032506537102E+01 a       374     0    24     1     6
  9.7449704740661556E+00 a       375     0    24     1     7
  1.4738840200519357E-01 a       376     0    24     1     8
  1.4104206992562485E+01 a       377     0    24     1     9
  1.0820973381773982E+01 a       378     0    24     1    10
  2.8872880131326735E+01 a       379     0    24     1    11
 -1.1987784312307188E+01 a       380     0    24     1    12
 -1.2497523303465865E+01 a       381     0    24     1    13
  1.3733893689707708E+00 a       382     0    24     1    14
 -4.6403294284766412E+00 a       383     0    24     1    15
  7.1844348960739923E+00 a       384     0    24     1    16
  4.2838546767381853E+00 a       385     0    25     1     1
  5.4976366784315287E+00 a       386     0    25     1     2
  7.3353807667191955E+00 a       387     0    25     1     3
 -3.2644276451649050E+00 a       388     0    25     1     4
 -1.0479082534186695E+01 a       389     0    25     1     5
  1.7506992459785867E+01 a       390     0    25     1     6
  2.9997470614648147E+00 a       391     0    25     1     7
  3.8900386747767328E+00 a       392     0    25     1     8
 -3.2905766134223238E+00 a       393     0    25     1     9
 -8.9369589403917722E+00 a       394     0    25     1    10
 -4.9659099277480969E+00 a       395     0    25     1    11
 -1.7393927660550947E+01 a       396     0    25     1    12
 -1.6276501242814280E+01 a       397     0    25     1    13
 -2.7502392672812626E+01 a       398     0    25     1    14
 -6.3321946319676439E+00 a       399     0    25     1    15
 -2.6657784452172173E+00 a       400     0    25     1    16
  8.4161588120904496E-01 a       401     0    26     1     1
  1.6253695452671876E-01 a       402     0    26     1     2
  9.5078678586551862E-02 a       403     0    26     1     3
  4.0955740366432307E+00 a       404     0    26     1     4
  4.0175404224936626E+00 a       405     0    26     1     5
 -2.6876865410967055E+00 a       406     0    26     1     6
 -2.0428227075661733E+00 a       407     0    26     1     7
 -5.2081154632391907E-02 a       408     0    26     1     8
  2.8492592351574277E+00 a       409     0    26     1     9
  7.4823808278133797E-01 a       410     0    26     1    10
  1.3040709869029568E+00 a       411     0    26     1    11
 -1.6752209161002321E-01 a       412     0    26     1    12
  3.2547684632416933E+00 a       413     0    26     1    13
 -1.5562713643015386E-01 a       414     0    26     1    14
  1.5607742358460843E+00 a       415     0    26     1    15
  3.1426557736281664E+00 a       416     0    26     1    16
  2.2001516918365902E-01 a       417     0    27     1     1
  5.3954117097214533E+00 a       418     0    27     1     2
  4.7415547986712636E-01 a       419     0    27     1     3
  5.1989432150885593E+00 a       420     0    27     1     4
  3.3425388283885464E+00 a       421     0    27     1     5
 -3.7510294435486391E+00 a       422     0    27     1     6
 -1.4703768333850560E+00 a       423     0    27     1     7
 -3.1895121689045940E+00 a       424     0    27     1     8
  4.7456848700364923E-01 a       425     0    27     1     9
 -1.4463714119957043E+00 a       426     0    27     1    10
  4.7611995665481581E+00 a       427     0    27     1    11
  4.0005718827436514E+00 a       428     0    27     1    12
  6.8603400172550595E+00 a       429     0    27     1    13
  1.8578863130792580E+00 a       430     0    27     1    14
 -1.5839542768044206E+00 a       431     0    27     1    15
  6.0713933732028185E+00 a       432     0    27     1    16
  8.3589191905647873E+00 a       433     0    28     1     1
  1.3433091077732561E+01 a       434     0    28     1     2
 -4.1585538988688571E+00 a       435     0    28     1     3
  7.8826751368156689E+00 a       436     0    28     1     4
  4.0646442158607127E-01 a       437     0    28     1     5
 -4.9272607007612637E+00 a       438     0    28     1     6
  1.8992175103741438E+00 a       439     0    28     1     7
  6.4763219141160844E-01 a       440     0    28     1     8
 -1.7218836122039494E-01 a       441     0    28     1     9
  4.4281036356156905E-01 a       442     0    28     1    10
  1.2401779077724665E+01 a       443     0    28     1    11
  4.6160938648724539E+00 a       444     0    28     1    12
  5.2231401054013054E+00 a       445     0    28     1    13
 -5.7413822304774287E-01 a       446     0    28     1    14
  5.4881905513740641E+00 a       447     0    28     1    15
 -8.4828395752991914E-01 a       448     0    28     1    16
 -3.0496768108607033E+00 a       449     0    29     1     1
  4.4749045573387453E-01 a       450     0    29     1     2
  2.5954057254603864E+00 a       451     0    29     1     3
 -5.4230965257975672E-01 a       452     0    29     1     4
  3.4870750957642476E+00 a       453     0    29     1     5
  2.7019329496436852E+00 a       454     0    29     1     6
 -2.5497218663433491E-01 a       455     0    29     1     7
 -2.0509635752415303E+00 a       456     0    29     1     8
 -4.7404884512240546E+00 a       457     0    29     1     9
 -2.9083410675937347E+00 a       458     0    29     1    10
 -5.5029025923998764E+00 a       459     0    29     1    11
 -3.1416832790852151E-01 a       460     0    29     1    12
 -3.5113418193063919E+00 a       461     0    29     1    13
  5.3865846945685891E-01 a       462     0    29     1    14
 -3.5335041567996757E+00 a       463     0    29     1    15
 -1.5993048340655791E+00 a       464     0    29     1    16
  2.0428832994724191E+00 a       465     0    30     1     1
  5.3075216097673607E-02 a       466     0    30     1     2
  4.7142527138247390E+00 a       467     0    30     1     3
 -2.5627904726984280E-01 a       468     0    30     1     4
 -1.5789387918214295E+00 a       469     0    30     1     5
 -4.1383548811733822E-01 a       470     0    30     1     6
 -5.0484788851596338E-02 a       471     0    30     1     7
  1.5743019813538648E+00 a       472     0    30     1     8
 -2.7196077625907331E+00 a       473     0    30     1     9
 -8.6613148809429363E-01 a       474     0    30     1    10
 -4.8660642303551755E+00 a       475     0    30     1    11
 -5.6289070350324870E+00 a       476     0    30     1    12
 -1.1839064527022577E+01 a       477     0    30     1    13
 -4.1726514950017126E+00 a       478     0    30     1    14
  1.5260475930658841E+00 a       479     0    30     1    15
 -3.0756169760091012E+00 a       480     0    30     1    16
  9.5234181222698560E+00 a       481     0    31     1     1
  1.1965181380735277E+00 a       482     0    31     1     2
 -8.3889957412698557E-01 a       483     0    31     1     3
  9.8975123463113057E+00 a       484     0    31     1     4
  5.6768296393798039E+00 a       485     0    31     1     5
  1.0040208851949343E+01 a       486     0    31     1     6
 -3.8599574093137301E+00 a       487     0    31     1     7
 -7.0095272303280065E-01 a       488     0    31     1     8
 -1.0569657523435621E+01 a       489     0    31     1     9
  7.2656968712544270E+00 a       490     0    31     1    10
 -1.2927536823439112E-01 a       491     0    31     1    11
  8.4892787888308998E+00 a       492     0    31     1    12
 -8.9983259359687544E+00 a       493     0    31     1    13
  1.7339584200987321E-01 a       494     0    31     1    14
  2.3587322886081301E+00 a       495     0    31     1    15
  4.6338114302344668E-01 a       496     0    31     1    16
  2.1142423601187934E+00 a       497     0    32     1     1
  1.4009412080126141E+01 a       498     0    32     1     2
 -6.0125423837528107E+00 a       499     0    32     1     3
 -4.5573795310518550E+00 a       500     0    32     1     4
 -1.0788464493091670E+01 a       501     0    32     1     5
 -2.2543917382028913E+00 a       502     0    32     1     6
 -2.3728691050809548E+01 a       503     0    32     1     7
  7.4287666554433851E-01 a       504     0    32     1     8
  6.2728783417066003E+00 a       505     0    32     1     9
  5.5278884390179561E+00 a       506     0    32     1    10
  1.2158172201211517E+01 a       507     0    32     1    11
 -5.5204435678056614E+00 a       508     0    32     1    12
 -2.3363487732506449E+01 a       509     0    32     1    13
 -4.4847761520194007E+00 a       510     0    32     1    14
 -2.3314683067019581E+00 a       511     0    32     1    15
  2.3446459518708021E+01 a       512     0    32     1    16
 -9.4439128145104156E+00 a       513     0    33     1     1
  3.5261738903900799E+00 a       514     0    33     1     2
  8.0926883926732636E+00 a       515     0    33     1     3
  3.1852624039772905E+00 a       516     0    33     1     4
 -3.4720932220769387E+00 a       517     0    33     1     5
 -1.0194879247234226E+01 a       518     0    33     1     6
 -2.0322640494089432E+00 a       519     0    33     1     7
 -1.8371863589901789E+00 a       520     0    33     1     8
  4.0927272400090580E+00 a       521     0    33     1     9
 -7.7603617414571886E+00 a       522     0    33     1    10
 -2.0994238180524730E-01 a       523     0    33     1    11
 -9.0886240728694965E+00 a       524     0    33     1    12
  5.3863893760981432E+00 a       525     0    33     1    13
  4.0382141688585458E+00 a       526     0    33     1    14
  4.8408549538091850E-01 a       527     0    33     1    15
 -1.2048106749498222E+00 a       528     0    33     1    16
  9.5271161795627127E-02 a       529     0    34     1     1
 -8.8393478459444963E-01 a       530     0    34     1     2
 -5.9479716466043803E-02 a       531     0    34     1     3
 -9.5750619522093605E-01 a       532     0    34     1     4
 -1.3888052408755034E+00 a       533     0    34     1     5
  2.5946980026950225E-02 a       534     0    34     1     6
  4.5021677857229209E-01 a       535     0    34     1     7
 -2.1248194986802352E-01 a       536     0    34     1     8
  1.1111507388733260E-01 a       537     0    34     1     9
 -2.0423554021047829E+00 a       538     0    34     1    10
  1.1134740423792027E+00 a       539     0    34     1    11
  2.1562058462747422E-01 a       540     0    34     1    12
  8.2530806639199972E-01 a       541     0    34     1    13
 -1.2473088621625152E+00 a       542     0    34     1    14
  1.1001454345196970E+00 a       543     0    34     1    15
 -4.8558854771372101E-01 a       544     0    34     1    16
 -2.0647391643655575E+00 a       545     0    35     1     1
 -1.0150717823780238E+00 a       546     0    35     1     2
 -6.1419374767608015E-01 a       547     0    35     1     3
  1.8886302363672796E+00 a       548     0    35     1     4
  2.0187752387003663E+00 a       549     0    35     1     5
 -8.9432271655326578E-01 a       550     0    35     1     6
 -6.9757008159251810E-01 a       551     0    35     1     7
 -1.4738171399936697E+00 a       552     0    35     1     8
 -1.4302988336929496E+00 a       553     0    35     1     9
 -2.6255139588393237E+00 a       554     0    35     1    10
  1.5478189138376304E+00 a       555     0    35     1    11
  7.7501396732437089E-01 a       556     0    35     1    12
  6.8447288190233779E-01 a       557     0    35     1    13
  2.3935503423569267E+00 a       558     0    35     1    14
 -1.1156761660359453E+00 a       559     0    35     1    15
  2.8292104845699475E+00 a       560     0    35     1    16
 -2.3238293992270681E-01 a       561     0    36     1     1
 -9.6552301444890554E-01 a       562     0    36     1     2
 -3.4076583084456975E+00 a       563     0    36     1     3
  1.1023096514964150E+00 a       564     0    36     1     4
 -1.1114914716831611E-01 a       565     0    36     1     5
 -2.5115958029028880E+00 a       566     0    36     1     6
 -2.3218681336324969E+00 a       567     0    36     1     7
  7.4878546771608645E-01 a       568     0    36     1     8
  1.7433175415056185E-01 a       569     0    36     1     9
 -2.4751363502076602E+00 a       570     0    36     1    10
  5.2303153488100573E+00 a       571     0    36     1    11
 -3.2394947036874233E-01 a       572     0    36     1    12
  9.8991130557995732E-01 a       573     0    36     1    13
  2.5453418506698284E+00 a       574     0    36     1    14
 -3.8430401770670919E+00 a       575     0    36     1    15
 -1.0749163114731910E+00 a       576     0    36     1    16
  1.1489422268803453E+00 a       577     0    37     1     1
 -4.4911115387937333E+00 a       578     0    37     1     2
  7.0364320578806545E+00 a       579     0    37     1     3
 -1.4474289035890660E+00 a       580     0    37     1     4
 -7.7188460423805472E+00 a       581     0    37     1     5
  1.1419286521663905E+01 a       582     0    37     1     6
 -6.8619638079903984E+00 a       583     0    37     1     7
  4.0492765990025923E+00 a       584     0    37     1     8
  3.4870772129896119E+00 a       585     0    37     1     9
 -4.2759235676108087E+00 a       586     0    37     1    10
 -2.8190808805049214E+00 a       587     0    37     1    11
 -5.7701319689423514E+00 a       588     0    37     1    12
 -4.3720518166244682E-01 a       589     0    37     1    13
 -7.7543987999785582E+00 a       590     0    37     1    14
  9.7639262789223780E-01 a       591     0    37     1    15
 -4.9610664959112166E-01 a       592     0    37     1    16
  1.2130692684370281E+00 a       593     0    38     1     1
 -7.5647446514409711E-01 a       594     0    38     1     2
  3.0412645815195041E+00 a       595     0    38     1     3
 -5.5055374640853427E-01 a       596     0    38     1     4
 -4.1953159760081880E+00 a       597     0    38     1     5
  1.9704443886735974E+00 a       598     0    38     1     6
 -7.5271442063273275E-01 a       599     0    38     1     7
  4.1657891351947135E-01 a       600     0    38     1     8
  5.8006221077130982E-01 a       601     0    38     1     9
 -1.9900528895969156E+00 a       602     0    38     1    10
  1.8768635647593728E+00 a       603     0    38     1    11
 -1.3909454712648817E+00 a       604     0    38     1    12
  3.4624588573186661E+00 a       605     0    38     1    13
 -2.1611526619085946E+00 a       606     0    38     1    14
 -9.1446099609331755E-01 a       607     0    38     1    15
 -1.2425466306551465E+00 a       608     0    38     1    16
 -1.2910188985495941E-01 a       609     0    39     1     1
 -1.1181004134865013E+01 a       610     0    39     1     2
 -3.3973551675821025E+00 a       611     0    39     1     3
 -1.7117607483616768E+00 a       612     0    39     1     4
 -4.0837660527959745E+00 a       613     0    39     1     5
  2.2332998846690737E+00 a       614     0    39     1     6
 -6.2810745037283944E-01 a       615     0    39     1     7
 -3.1399605825402941E+00 a       616     0    39     1     8
 -1.9035670000934259E+00 a       617     0    39     1     9
 -1.5455805918522143E+01 a       618     0    39     1    10
  2.2440188775628180E+00 a       619     0    39     1    11
 -1.9037042751180506E+00 a       620     0    39     1    12
 -1.3751758334167443E+01 a       621     0    39     1    13
 -3.0149949127801339E+00 a       622     0    39     1    14
  5.7467407241127662E+00 a       623     0    39     1    15
  3.5381871587601856E+00 a       624     0    39     1    16
  1.2241137114140048E+00 a       625     0    40     1     1
  3.6586270786743738E+00 a       626     0    40     1     2
  8.3131265112918626E+00 a       627     0    40     1     3
  8.7856463131603117E+00 a       628     0    40     1     4
 -1.3599344482422517E+00 a       629     0    40     1     5
  2.3335435972306873E+00 a       630     0    40     1     6
  6.7124607876608362E+00 a       631     0    40     1     7
 -4.1417663105209314E-02 a       632     0    40     1     8
  5.1882802812803143E-02 a       633     0    40     1     9
 -1.4439307802505026E+00 a       634     0    40     1    10
  1.2925396254600128E+00 a       635     0    40     1    11
 -4.1687931508252536E+00 a       636     0    40     1    12
  1.6534434748189180E+00 a       637     0    40     1    13
  2.1849688292165719E+00 a       638     0    40     1    14
 -1.5716819197605298E+00 a       639     0    40     1    15
 -7.2888705041059998E+00 a       640     0    40     1    16
  4.9235072766472970E-01 a       641     0    41     1     1
 -1.5505678521570909E+00 a       642     0    41     1     2
  2.6642389114633733E+00 a       643     0    41     1     3
 -4.0576409573432741E+00 a       644     0    41     1     4
 -2.8277811152656276E+00 a       645     0    41     1     5
  1.6348381029563910E+00 a       646     0    41     1     6
 -2.0952569329475024E+00 a       647     0    41     1     7
  3.1839134774814628E+00 a       648     0    41     1     8
  9.5463208153976353E-01 a       649     0    41     1     9
  2.3083367553980905E-01 a       650     0    41     1    10
 -8.9330034050671114E-01 a       651     0    41     1    11
  7.0777250623431609E-01 a       652     0    41     1    12
 -1.6522748662584569E-01 a       653     0    41     1    13
 -3.5420701830229415E+00 a       654     0    41     1    14
  2.8415390231052684E-01 a       655     0    41     1    15
  4.4632620233345727E-01 a       656     0    41     1    16
  4.8025234131787267E+00 a       657     0    42     1     1
 -3.0366186251846084E+01 a       658     0    42     1     2
  2.2683547647204532E+00 a       659     0    42     1     3
  1.2621375682619323E+01 a       660     0    42     1     4
 -1.5079555859859153E+00 a       661     0    42     1     5
 -1.0623474934011059E+01 a       662     0    42     1     6
 -7.3683010976716812E+00 a       663     0    42     1     7
  1.0183919684648031E+00 a       664     0    42     1     8
 -9.7952996245005153E+00 a       665     0    42     1     9
 -1.8074431902602811E+01 a       666     0    42     1    10
  9.5362076638469375E+00 a       667     0    42     1    11
  3.3206618429595167E+00 a       668     0    42     1    12
 -6.2986283614160534E+00 a       669     0    42     1    13
 -4.4428855761926081E-02 a       670     0    42     1    14
 -8.5626950642391275E+00 a       671     0    42     1    15
 -3.6327295101187476E+00 a       672     0    42     1    16
 -6.0931790732216760E+00 a       673     0    43     1     1
  5.9668037144663835E+00 a       674     0    43     1     2
 -2.2505670607980647E+01 a       675     0    43     1     3
 -1.0736080186201804E+01 a       676     0    43     1     4
  6.1380457498484153E+00 a       677     0    43     1     5
 -1.4777714576498486E+01 a       678     0    43     1     6
  1.2212903008914155E+01 a       679     0    43     1     7
  3.5926383093278749E+00 a       680     0    43     1     8
  2.7387159619692762E+00 a       681     0    43     1     9
  1.1150089595206310E+01 a       682     0    43     1    10
  7.1599497946204709E+00 a       683     0    43     1    11
  2.9339196543414388E+00 a       684     0    43     1    12
  1.1837941772894138E+00 a       685     0    43     1    13
  1.2149863146102042E+01 a       686     0    43     1    14
 -2.1543351417638603E+00 a       687     0    43     1    15
 -4.0041100209089109E-01 a       688     0    43     1    16
 -1.2959713098679773E+00 a       689     0    44     1     1
  2.2599459110058562E+00 a       690     0    44     1     2
 -5.7045748104396674E+00 a       691     0    44     1     3
 -3.1443439139644309E+00 a       692     0    44     1     4
  4.8773710650106494E+00 a       693     0    44     1     5
  3.8673135580972726E+00 a       694     0    44     1     6
  3.2643812691783416E+00 a       695     0    44     1     7
  4.9212638188217275E+00 a       696     0    44     1     8
  2.6532771093325178E+00 a       697     0    44     1     9
  8.1038885133350220E+00 a       698     0    44     1    10
 -7.3550756028310813E+00 a       699     0    44     1    11
 -6.6214388971205651E-01 a       700     0    44     1    12
 -9.6153701309430541E+00 a       701     0    44     1    13
  2.2735386700635170E+00 a       702     0    44     1    14
  9.8688960358988076E-01 a       703     0    44     1    15
  6.4488456197122623E-01 a       704     0    44     1    16
  9.7288439102430224E-01 a       705     0    45     1     1
  1.6759973099687567E+01 a       706     0    45     1     2
  9.4829448065196420E+00 a       707     0    45     1     3
  6.6981166209494090E+00 a       708     0    45     1     4
  2.2921228965623230E+00 a       709     0    45     1     5
 -4.1156390653834990E-01 a       710     0    45     1     6
  2.1495252619321562E-01 a       711     0    45     1     7
 -4.6119628119406086E-01 a       712     0    45     1     8
  1.0863134877837817E+00 a       713     0    45     1     9
  1.8430400135396723E+00 a       714     0    45     1    10
  3.9721758887710839E+00 a       715     0    45     1    11
 -1.7481654915181921E+00 a       716     0    45     1    12
  2.6574521568668938E+01 a       717     0    45     1    13
  5.9048345089113852E+00 a       718     0    45     1    14
 -4.7043196387618815E+00 a       719     0    45     1    15
 -9.1325066637655787E+00 a       720     0    45     1    16
  1.0529536973548452E+00 a       721     0    46     1     1
 -7.3662870835437999E-01 a       722     0    46     1     2
 -7.5816738681657334E+00 a       723     0    46     1     3
 -1.2873894467656381E+01 a       724     0    46     1     4
  7.7364112952804220E-01 a       725     0    46     1     5
  9.2376909432827272E+00 a       726     0    46     1     6
 -1.2077969907612266E+01 a       727     0    46     1     7
  3.9818798953497447E+00 a       728     0    46     1     8
  7.7849264972933323E+00 a       729     0    46     1     9
  5.6865421602577637E+00 a       730     0    46     1    10
 -4.7702912041174343E+00 a       731     0    46     1    11
  3.7605323476414871E+00 a       732     0    46     1    12
  6.9974873378819682E+00 a       733     0    46     1    13
 -4.6515609221718606E+00 a       734     0    46     1    14
  1.0194908498581604E+01 a       735     0    46     1    15
  8.6839297235210111E+00 a       736     0    46     1    16
 -3.0652773135331404E+00 a       737     0    47     1     1
  7.2044224053306420E+00 a       738     0    47     1     2
 -3.9093700944558267E+00 a       739     0    47     1     3
  1.5017148785133269E+01 a       740     0    47     1     4
  9.5717659126237233E+00 a       741     0    47     1     5
 -1.7336208078438560E+00 a       742     0    47     1     6
  1.0543028383302733E+00 a       743     0    47     1     7
 -9.2425427413129722E+00 a       744     0    47     1     8
 -2.0731070678907728E+00 a       745     0    47     1     9
 -8.1507435708524980E+00 a       746     0    47     1    10
  7.7956936421292466E+00 a       747     0    47     1    11
 -2.0199060759924239E-01 a       748     0    47     1    12
  8.9661649281569344E-01 a       749     0    47     1    13
  1.2616314127866104E+01 a       750     0    47     1    14
 -7.5943700067194053E-01 a       751     0    47     1    15
 -2.4617125151676449E+00 a       752     0    47     1    16
 -1.5810313918604207E+01 a       753     0    48     1     1
  2.9523487446188039E+01 a       754     0    48     1     2
 -7.1149980205369667E+00 a       755     0    48     1     3
  2.9719849481648253E+00 a       756     0    48     1     4
  7.3439199338568182E+00 a       757     0    48     1     5
  4.2239475530633692E+00 a       758     0    48     1     6
 -1.2092173401739799E+01 a       759     0    48     1     7
 -7.6047334853950153E+00 a       760     0    48     1     8
  1.6295747022011444E+01 a       761     0    48     1     9
 -1.4973112639439542E+01 a       762     0    48     1    10
  5.8017382555103296E+00 a       763     0    48     1    11
 -3.6899128582940040E+00 a       764     0    48     1    12
  2.5832625774826067E+01 a       765     0    48     1    13
  5.7009354110040107E+00 a       766     0    48     1    14
  9.9815937104260009E+00 a       767     0    48     1    15
  8.4849211693394597E+00 a       768     0    48     1    16
 -1.6928056386126483E-01 a       769     0    49     1     1
 -8.6158951644869186E-01 a       770     0    49     1     2
 -8.5736647665196919E-01 a       771     0    49     1     3
  1.9382711071618259E+00 a       772     0    49     1     4
 -1.4845245684451444E-01 a       773     0    49     1     5
 -2.2914894647174324E+00 a       774     0    49     1     6
  1.8548732252849787E-01 a       775     0    49     1     7
 -1.9474426745017262E-01 a       776     0    49     1     8
  3.1229485023381065E-01 a       777     0    49     1     9
  1.4755663022920569E+00 a       778     0    49     1    10
  1.8505381289336655E+00 a       779     0    49     1    11
  4.1741898582202774E-01 a       780     0    49     1    12
  9.6341895057312255E-01 a       781     0    49     1    13
  1.1242594837064042E+00 a       782     0    49     1    14
 -1.0661903689654619E+00 a       783     0    49     1    15
  9.3974330016778196E-01 a       784     0    49     1    16
  3.9323608211215810E-01 a       785     0    50     1     1
  2.5747846054477236E-01 a       786     0    50     1     2
  7.9753686776596255E-01 a       787     0    50     1     3
  3.0271673926164211E-01 a       788     0    50     1     4
  3.2926684824481950E-01 a       789     0    50     1     5
  1.4673540449412020E-01 a       790     0    50     1     6
 -1.3299420565391612E-01 a       791     0    50     1     7
 -4.0499130073548974E-02 a       792     0    50     1     8
 -2.4498261981800545E-01 a       793     0    50     1     9
  1.1630272687883254E+00 a       794     0    50     1    10
 -2.3552514362161003E-01 a       795     0    50     1    11
  3.7202647590819798E-01 a       796     0    50     1    12
  2.5391396641353912E+00 a       797     0    50     1    13
  5.0871549186522802E-01 a       798     0    50     1    14
 -5.9521078126129479E-01 a       799     0    50     1    15
  4.8689159574755458E-01 a       800     0    50     1    16
 -1.2016350996139384E+00 a       801     0    51     1     1
  7.5228566624546174E+00 a       802     0    51     1     2
  1.3302942590919609E+00 a       803     0    51     1     3
  1.0256842953656751E+00 a       804     0    51     1     4
  2.3602986028895736E+00 a       805     0    51     1     5
  2.2043253817187627E-01 a       806     0    51     1     6
  7.1377314857708263E-01 a       807     0    51     1     7
 -2.9806075250384354E+00 a       808     0    51     1     8
  1.1869346597196713E+00 a       809     0    51     1     9
 -7.7748552781831393E-01 a       810     0    51     1    10
 -9.1396513601939178E-01 a       811     0    51     1    11
 -1.1737149433357004E+00 a       812     0    51     1    12
  2.8711299671215000E+00 a       813     0    51     1    13
  1.9797664227578352E-01 a       814     0    51     1    14
  4.3146937349280892E+00 a       815     0    51     1    15
  1.2403068545506558E-01 a       816     0    51     1    16
  7.4464889583270084E+00 a       817     0    52     1     1
 -5.8616366646436191E+00 a       818     0    52     1     2
  8.4870879602227998E+00 a       819     0    52     1     3
  6.1660236330250324E+00 a       820     0    52     1     4
 -9.1392599194871185E+00 a       821     0    52     1     5
  7.9840939289865815E+00 a       822     0    52     1     6
 -5.1647062590214690E+00 a       823     0    52     1     7
 -6.3845648160665691E-01 a       824     0    52     1     8
 -1.0151426480740268E-01 a       825     0    52     1     9
 -1.1425629826509159E+01 a       826     0    52     1    10
 -1.8332243412183673E+00 a       827     0    52     1    11
 -5.5410711153141348E+00 a       828     0    52     1    12
 -3.2276564173713438E+00 a       829     0    52     1    13
 -1.0217014174626765E+01 a       830     0    52     1    14
  4.7964043249808190E+00 a       831     0    52     1    15
 -8.0446142299297012E+00 a       832     0    52     1    16
  1.9988297624358982E+00 a       833     0    53     1     1
 -7.9763519946303507E-01 a       834     0    53     1     2
  2.4853701821915917E+00 a       835     0    53     1     3
  1.5330716921368397E+00 a       836     0    53     1     4
 -4.3575902740235462E+00 a       837     0    53     1     5
 -1.8704953091589989E+00 a       838     0    53     1     6
 -1.9325720200093890E+00 a       839     0    53     1     7
 -2.8391560793998760E+00 a       840     0    53     1     8
 -1.7643586833316731E+00 a       841     0    53     1     9
 -5.7776117650119607E+00 a       842     0    53     1    10
  6.1997027893491765E+00 a       843     0    53     1    11
 -1.4340035100802445E-01 a       844     0    53     1    12
  6.5423913523681252E+00 a       845     0    53     1    13
 -1.8226355413291446E+00 a       846     0    53     1    14
 -4.5937046390623015E-01 a       847     0    53     1    15
 -2.7999820168175131E+00 a       848     0    53     1    16
  1.4707290581287216E+00 a       849     0    54     1     1
 -9.0861123162583279E+00 a       850     0    54     1     2
 -1.0642329161968210E+01 a       851     0    54     1     3
 -7.3199792002339397E+00 a       852     0    54     1     4
 -8.7691584235610112E+00 a       853     0    54     1     5
 -2.2055813054138684E-01 a       854     0    54     1     6
  7.3245139714514729E-01 a       855     0    54     1     7
  6.2505843809730743E+00 a       856     0    54     1     8
  6.0301184610751415E+00 a       857     0    54     1     9
  2.7197167567049800E+00 a       858     0    54     1    10
  2.4819668465519036E+00 a       859     0    54     1    11
  2.4778275165535248E+00 a       860     0    54     1    12
 -1.0066333585926664E+01 a       861     0    54     1    13
 -1.3096883343044654E+01 a       862     0    54     1    14
  7.4504772815345817E+00 a       863     0    54     1    15
 -2.8690338933216313E+00 a       864     0    54     1    16
  2.0719784819637326E+00 a       865     0    55     1     1
 -1.2022436623806034E+00 a       866     0    55     1     2
  7.2093839846962060E-01 a       867     0    55     1     3
  5.4770944602541256E+00 a       868     0    55     1     4
 -2.5235698560705710E+00 a       869     0    55     1     5
 -6.8949675404325133E+00 a       870     0    55     1     6
  6.1382765052504222E+00 a       871     0    55     1     7
 -8.0518480283207983E-01 a       872     0    55     1     8
 -4.4490009583711467E+00 a       873     0    55     1     9
 -3.5879350151236339E-01 a       874     0    55     1    10
  4.0775826490347029E+00 a       875     0    55     1    11
 -2.8613425568375317E+00 a       876     0    55     1    12
 -1.1111251279460868E+01 a       877     0    55     1    13
  1.2917340389166584E-01 a       878     0    55     1    14
 -8.1120554770830040E+00 a       879     0    55     1    15
 -8.5251457419285348E+00 a       880     0    55     1    16
  3.7571783809656849E+00 a       881     0    56     1     1
 -2.3347187974144958E+00 a       882     0    56     1     2
  1.7839777240100998E+00 a       883     0    56     1     3
 -1.0853528459466533E+01 a       884     0    56     1     4
 -6.0601497844444241E+00 a       885     0    56     1     5
  1.0997717106483569E+00 a       886     0    56     1     6
 -2.1712816953744203E+00 a       887     0    56     1     7
  5.9157566462953994E+00 a       888     0    56     1     8
  6.9141971030855720E-01 a       889     0    56     1     9
  2.8642314303616470E+00 a       890     0    56     1    10
 -2.9038678217218807E+00 a       891     0    56     1    11
  8.0797177950328958E-01 a       892     0    56     1    12
 -2.2704738481536335E+00 a       893     0    56     1    13
 -8.7097990197483313E+00 a       894     0    56     1    14
  2.8032167625438809E-01 a       895     0    56     1    15
 -2.3250938931124452E+00 a       896     0    56     1    16
  1.0285524699668791E+01 a       897     0    57     1     1
 -1.7458380262848806E+01 a       898     0    57     1     2
 -5.4388872905865249E+00 a       899     0    57     1     3
 -5.1054445671728041E+00 a       900     0    57     1     4
 -1.2859482639997553E+01 a       901     0    57     1     5
 -5.9422546475599951E+00 a       902     0    57     1     6
  8.3224937955881426E+00 a       903     0    57     1     7
  1.1701258666964961E+01 a       904     0    57     1     8
 -6.0707265779130415E+00 a       905     0    57     1     9
  1.0450320683296393E+01 a       906     0    57     1    10
  1.4511465770187352E+01 a       907     0    57     1    11
  4.1683649106855758E-01 a       908     0    57     1    12
 -1.0309617641841426E+01 a       909     0    57     1    13
 -4.8449165904535443E+00 a       910     0    57     1    14
 -1.3204056945075640E+01 a       911     0    57     1    15
 -1.4018115926736431E+01 a       912     0    57     1    16
  9.7741353180498280E-01 a       913     0    58     1     1
  5.5817268073519308E+00 a       914     0    58     1     2
  6.6113449176565253E-01 a       915     0    58     1     3
  1.2275750419152247E+00 a       916     0    58     1     4
 -2.8152417147189818E-01 a       917     0    58     1     5
 -1.2570225036945750E+00 a       918     0    58     1     6
  2.2200694675582056E+00 a       919     0    58     1     7
  6.4733985381155712E+00 a       920     0    58     1     8
  5.6443683982428050E+00 a       921     0    58     1     9
  1.4641260587664437E+01 a       922     0    58     1    10
 -1.9576940659750806E+00 a       923     0    58     1    11
  3.2479277316115764E+00 a       924     0    58     1    12
  1.8830530260612501E+00 a       925     0    58     1    13
 -2.9729352202954185E+00 a       926     0    58     1    14
 -3.7037122245699611E-01 a       927     0    58     1    15
 -3.7869018533451926E+00 a       928     0    58     1    16
  1.3487245833391632E+00 a       929     0    59     1     1
  9.1692713054693300E+00 a       930     0    59     1     2
  6.6099849140240385E+00 a       931     0    59     1     3
 -1.4121769221829634E+01 a       932     0    59     1     4
 -2.7920542654774336E+00 a       933     0    59     1     5
  8.4960846155868346E+00 a       934     0    59     1     6
  1.0399555304371237E+01 a       935     0    59     1     7
  5.6098928504716978E+00 a       936     0    59     1     8
  2.4791560509929895E+00 a       937     0    59     1     9
  1.9716867745494358E+01 a       938     0    59     1    10
 -1.1736709229600075E+01 a       939     0    59     1    11
  9.7642267253236292E-01 a       940     0    59     1    12
 -6.9728482047844880E+00 a       941     0    59     1    13
 -3.0697752493312902E+00 a       942     0    59     1    14
  4.4610117082949799E-03 a       943     0    59     1    15
  3.5543752615209336E+00 a       944     0    59     1    16
 -1.3579412953307222E+00 a       945     0    60     1     1
  3.1798315285214995E+00 a       946     0    60     1     2
  5.5781695503849020E+00 a       947     0    60     1     3
  3.5294514610833754E+00 a       948     0    60     1     4
  7.0504164882122415E+00 a       949     0    60     1     5
 -1.3999862491720734E+00 a       950     0    60     1     6
 -1.5591162754379959E+00 a       951     0    60     1     7
 -3.6537949464788486E+00 a       952     0    60     1     8
 -3.1248060445523285E+00 a       953     0    60     1     9
  4.5052443798886159E+00 a       954     0    60     1    10
 -1.1484305478514876E+00 a       955     0    60     1    11
  5.6538929846717023E+00 a       956     0    60     1    12
  2.6306047144106390E+00 a       957     0    60     1    13
  2.6549568579912322E+00 a       958     0    60     1    14
 -3.3901721561222771E+00 a       959     0    60     1    15
  6.1949796671504007E+00 a       960     0    60     1    16
 -9.1682912427608687E-01 a       961     0    61     1     1
  8.9114653709760155E-02 a       962     0    61     1     2
  1.0138435218831119E+00 a       963     0    61     1     3
  2.6133914916547756E+00 a       964     0    61     1     4
  3.0733664100130529E+00 a       965     0    61     1     5
 -3.1443637319511728E+00 a       966     0    61     1     6
 -1.0813732177052979E+00 a       967     0    61     1     7
 -2.1519385685902992E+00 a       968     0    61     1     8
 -1.0841404113081490E+00 a       969     0    61     1     9
  4.9769363736352762E-01 a       970     0    61     1    10
  7.1437958096068410E-01 a       971     0    61     1    11
  1.7551531740028417E+00 a       972     0    61     1    12
  6.6871875351341259E-01 a       973     0    61     1    13
  1.7731657207837914E+00 a       974     0    61     1    14
 -4.0721122996946740E-01 a       975     0    61     1    15
  2.0435061846155658E+00 a       976     0    61     1    16
 -2.5407869406857939E+00 a       977     0    62     1     1
 -3.3910401707683517E+00 a       978     0    62     1     2
 -4.6028589867327052E-01 a       979     0    62     1     3
  1.3985680598342229E+00 a       980     0    62     1     4
  1.0587730512018492E+01 a       981     0    62     1     5
  1.2836905117212187E+00 a       982     0    62     1     6
 -3.1118168309149241E+00 a       983     0    62     1     7
 -6.8378919122690185E+00 a       984     0    62     1     8
 -9.0780183630195985E+00 a       985     0    62     1     9
 -2.8300513852030331E+00 a       986     0    62     1    10
 -7.6492044648017474E+00 a       987     0    62     1    11
 -3.3474736662085824E+00 a       988     0    62     1    12
 -8.9089842089410709E+00 a       989     0    62     1    13
  1.1230032226406076E+01 a       990     0    62     1    14
 -7.9464865318715496E+00 a       991     0    62     1    15
  1.0986324572124303E+01 a       992     0    62     1    16
  6.5892649455226049E-02 a       993     0    63     1     1
 -4.5939858938686884E+00 a       994     0    63     1     2
 -2.3591936773025473E+00 a       995     0    63     1     3
  1.5509560022631019E-01 a       996     0    63     1     4
 -8.6520887500232924E-01 a       997     0    63     1     5
 -6.3373667010642309E-01 a       998     0    63     1     6
  2.0215307334401427E+00 a       999     0    63     1     7
  2.3432912126118893E-01 a      1000     0    63     1     8
  7.2271611721882434E-01 a      1001     0    63     1     9
  3.4352869502034471E+00 a      1002     0    63     1    10
 -2.5108542852893674E+00 a      1003     0    63     1    11
 -1.2866868971387706E+00 a      1004     0    63     1    12
  7.1202709819312671E-01 a      1005     0    63     1    13
 -7.4750633739061789E-01 a      1006     0    63     1    14
 -3.4041016765874975E-02 a      1007     0    63     1    15
  3.9256032622114194E+00 a      1008     0    63     1    16
  1.9334708542822845E-01 a      1009     0    64     1     1
  4.3359308727549400E-01 a      1010     0    64     1     2
  4.0054332587525252E+00 a      1011     0    64     1     3
  1.5946956324777593E+00 a      1012     0    64     1     4
  7.9577400345736224E+00 a      1013     0    64     1     5
  6.3889714390704970E+00 a      1014     0    64     1     6
  7.0589219062075104E-01 a      1015     0    64     1     7
 -6.2432699803605045E+00 a      1016     0    64     1     8
 -2.0379637339646894E+00 a      1017     0    64     1     9
  1.3702573085915444E+00 a      1018     0    64     1    10
 -1.7495847450336715E+01 a      1019     0    64     1    11
  7.2073108050036938E-01 a      1020     0    64     1    12
 -1.7213155266285454E+00 a      1021     0    64     1    13
 -2.6758729221025657E-01 a      1022     0    64     1    14
  9.4922699229167478E+00 a      1023     0    64     1    15
  8.1894048131764023E+00 a      1024     0    64     1    16
 -2.7718605661663481E-01 b      1025     1     1
  3.3983643113202858E-02 b      1026     1     2
  6.6539330024925714E-01 b      1027     1     3
 -6.2408727898761340E-02 b      1028     1     4
  4.7834505749333750E-01 b      1029     1     5
  5.3820839257939318E-02 b      1030     1     6
  3.8531017346237012E-01 b      1031     1     7
  8.4638030793561980E-01 b      1032     1     8
  2.5929746257163916E-01 b      1033     1     9
 -1.8061653054388790E-01 b      1034     1    10
  7.5329475251134714E-01 b      1035     1    11
 -2.0655050463692804E-03 b      1036     1    12
 -1.8970049433025427E-01 b      1037     1    13
 -1.2379298154219652E-01 b      1038     1    14
  7.1113916397351304E-02 b      1039     1    15
  4.6834084528849840E-01 b      1040     1    16
 -4.6683210127932506E-01 a      1041     1     1     2     1
 -5.3671625541151013E-01 a      1042     1     1     2     2
 -7.7799054092759612E-02 a      1043     1     1     2     3
 -5.2457823078038146E-02 a      1044     1     1     2     4
 -5.7386895412803463E-01 a      1045     1     1     2     5
  1.2120892420512561E+00 a      1046     1     1     2     6
 -1.9113101931227464E-01 a      1047     1     1     2     7
  4.0258389138154649E-01 a      1048     1     1     2     8
 -4.0549915791976249E-01 a      1049     1     1     2     9
 -7.8864017892704963E-01 a      1050     1     1     2    10
 -9.9382281791023297E-01 a      1051     1     1     2    11
 -3.8280316730448460E-01 a      1052     1     1     2    12
  1.8326826832147390E-02 a      1053     1     1     2    13
  7.9396795740330306E-01 a      1054     1     1     2    14
 -9.6313964568114430E-01 a      1055     1     1     2    15
 -1.1131592550051064E+00 a      1056     1     1     2    16
  1.3942244352260880E-01 a      1057     1     2     2     1
  5.3459247944504851E-01 a      1058     1     2     2     2
  1.6473277087929103E-01 a      1059     1     2     2     3
 -7.3433952209945896E-01 a      1060     1     2     2     4
  2.2899689435695422E-01 a      1061     1     2     2     5
  6.5558508330882959E-01 a      1062     1     2     2     6
 -4.6982245320136051E-01 a      1063     1     2     2     7
  4.7391989250328387E-01 a      1064     1     2     2     8
  4.4497453184813524E-01 a      1065     1     2     2     9
 -6.8944622204131422E-03 a      1066     1     2     2    10
  4.8368255714374103E-01 a      1067     1     2     2    11
  2.1204619846520545E-01 a      1068     1     2     2    12
  7.8721730715707905E-01 a      1069     1     2     2    13
  1.4830946413925179E+00 a      1070     1     2     2    14
  7.7417445360787207E-01 a      1071     1     2     2    15
  6.7034998774919163E-01 a      1072     1     2     2    16
 -5.6373735474395614E-01 a      1073     1     3     2     1
 -3.7918901498595198E-01 a      1074     1     3     2     2
  4.1778103066320954E-01 a      1075     1     3     2     3
 -1.3133131105778079E-01 a      1076     1     3     2     4
 -9.7787474799252982E-02 a      1077     1     3     2     5
  7.1640561782781331E-01 a      1078     1     3     2     6
  7.7705786006606714E-01 a      1079     1     3     2     7
 -4.4856466553667851E-01 a      1080     1     3     2     8
 -1.6597506918584419E+00 a      1081     1     3     2     9
  8.0397773706538597E-02 a      1082     1     3     2    10
  1.0160794778538729E+00 a      1083     1     3     2    11
 -3.7403580987753471E-01 a      1084     1     3     2    12
 -4.8646625678105931E-01 a      1085     1     3     2    13
 -9.7652883346309272E-01 a      1086     1     3     2    14
 -2.6153150211234721E-01 a      1087     1     3     2    15
 -6.6096984343445173E-02 a      1088     1     3     2    16
  2.1720104496640209E+00 a      1089     1     4     2     1
 -5.5290790010660218E-01 a      1090     1     4     2     2
 -1.4312107146792895E-02 a      1091     1     4     2     3
 -8.1643549558397721E-01 a      1092     1     4     2     4
  1.0811367704282744E-01 a      1093     1     4     2     5
  5.1333128693452501E-01 a      1094     1     4     2     6
 -1.0904050505144320E+00 a      1095     1     4     2     7
  8.2868798624072704E-02 a      1096     1     4     2     8
  1.2280592107000932E+00 a      1097     1     4     2     9
 -3.4326592138684253E-01 a      1098     1     4     2    10
  3.6850195731389945E-01 a      1099     1     4     2    11
 -2.8305555144300043E-01 a      1100     1     4     2    12
  3.4282016182401859E-01 a      1101     1     4     2    13
  9.0976963654829623E-01 a      1102     1     4     2    14
  2.2927128595604587E+00 a      1103     1     4     2    15
  2.8132459104577179E-01 a      1104     1     4     2    16
  2.7885646947355436E-01 a      1105     1     5     2     1
 -2.9254205400191047E-01 a      1106     1     5     2     2
 -1.9482228018691242E-01 a      1107     1     5     2     3
  5.6434097748741863E-01 a      1108     1     5     2     4
  7.9876400676877624E-01 a      1109     1     5     2     5
  6.0636773070325178E-01 a      1110     1     5     2     6
  1.3210073359393175E+00 a      1111     1     5     2     7
 -7.9955761173467577E-01 a      1112     1     5     2     8
  1.2561811237750742E-01 a      1113     1     5     2     9
 -7.1599719677974194E-01 a      1114     1     5     2    10
 -1.3274643931984201E-01 a      1115     1     5     2    11
 -4.7596441047898241E-01 a      1116     1     5     2    12
 -7.4027610123302878E-01 a      1117     1     5     2    13
 -2.0468551052807385E-01 a      1118     1     5     2    14
 -5.5023381141071404E-01 a      1119     1     5     2    15
 -8.4841564766550237E-01 a      1120     1     5     2    16
 -9.6732379432219506E-01 a      1121     1     6     2     1
  2.7073258600759660E-02 a      1122     1     6     2     2
  1.0683061533927474E+00 a      1123     1     6     2     3
 -4.1321733363610974E-01 a      1124     1     6     2     4
 -5.7313522940977912E-01 a      1125     1     6     2     5
  6.3419551586353684E-01 a      1126     1     6     2     6
 -1.8768953557764875E-01 a      1127     1     6     2     7
 -4.2246330640248431E-01 a      1128     1     6     2     8
 -1.0257688238414953E+00 a      1129     1     6     2     9
 -1.0996496198019972E-02 a      1130     1     6     2    10
  3.5815380013552783E-01 a      1131     1     6     2    11
  4.2841431171729040E-02 a      1132     1     6     2    12
  7.7429892628219282E-02 a      1133     1     6     2    13
 -1.5084321274687633E+00 a      1134     1     6     2    14
 -4.1351993811238836E+00 a      1135     1     6     2    15
  3.5055074685106363E-01 a      1136     1     6     2    16
 -7.9029475120291154E-02 a      1137     1     7     2     1
 -4.8226399820031997E-02 a      1138     1     7     2     2
  1.2183904135924378E-01 a      1139     1     7     2     3
 -4.6021865322290328E-01 a      1140     1     7     2     4
  6.3623751433653591E-02 a      1141     1     7     2     5
 -8.2277179820322385E-02 a      1142     1     7     2     6
  5.0277339181712111E-01 a      1143     1     7     2     7
 -1.6747556656328749E-01 a      1144     1     7     2     8
 -4.6970129067141464E-01 a      1145     1     7     2     9
  2.3916032881122626E-01 a      1146     1     7     2    10
  7.8665224833410130E-01 a      1147     1     7     2    11
 -4.5487298548707217E-01 a      1148     1     7     2    12
  2.2146934749842040E-01 a      1149     1     7     2    13
 -1.2393228294228793E+00 a      1150     1     7     2    14
 -5.4021208809108545E-01 a      1151     1     7     2    15
  7.4214249531006471E-02 a      1152     1     7     2    16
  2.7327886173449376E+00 a      1153     1     8     2     1
 -5.7026262465003497E-01 a      1154     1     8     2     2
 -3.0341442482624131E-01 a      1155     1     8     2     3
 -2.9779983434028834E-01 a      1156     1     8     2     4
  3.8560076515234859E-01 a      1157     1     8     2     5
  4.2647166224109023E-01 a      1158     1     8     2     6
 -1.6453874819881071E+00 a      1159     1     8     2     7
 -6.0370532822149914E-01 a      1160     1     8     2     8
  2.9399767252350064E+00 a      1161     1     8     2     9
 -6.6562189116295889E-01 a      1162     1     8     2    10
  2.7816314745270238E-01 a      1163     1     8     2    11
 -7.6981539492941409E-01 a      1164     1     8     2    12
  1.3800170823107927E-01 a      1165     1     8     2    13
  1.4797596808183784E+00 a      1166     1     8     2    14
 -3.3536863622941309E+00 a      1167     1     8     2    15
 -3.7730636951934193E-01 a      1168     1     8     2    16
 -8.0106693445392330E-01 a      1169     1     9     2     1
 -8.2312939865411128E-01 a      1170     1     9     2     2
 -2.8374517050414622E-01 a      1171     1     9     2     3
  7.5397645833317262E-01 a      1172     1     9     2     4
  4.8380686899502631E-02 a      1173     1     9     2     5
  4.2649276978830181E-01 a      1174     1     9     2     6
  6.2915405968849536E-01 a      1175     1     9     2     7
 -1.4162073265271809E-02 a      1176     1     9     2     8
  4.7985426523523383E-01 a      1177     1     9     2     9
 -1.1735475286478498E-02 a      1178     1     9     2    10
  1.1196987044535582E+00 a      1179     1     9     2    11
  1.2530223371721319E-01 a      1180     1     9     2    12
 -1.3328727065497696E+00 a      1181     1     9     2    13
 -1.1839695505829098E+00 a      1182     1     9     2    14
 -1.0024185723987462E+00 a      1183     1     9     2    15
 -8.1905489601358061E-01 a      1184     1     9     2    16
 -7.2711788081896045E-01 a      1185     1    10     2     1
  1.5322342582541329E-01 a      1186     1    10     2     2
  3.6431197198258203E-01 a      1187     1    10     2     3
  3.4769241249682989E-02 a      1188     1    10     2     4
 -5.0435006044016939E-01 a      1189     1    10     2     5
 -6.5618445776391576E-01 a      1190     1    10     2     6
  8.5005541281499175E-01 a      1191     1    10     2     7
  2.1048854416907234E-01 a      1192     1    10     2     8
  3.4321391375794888E-02 a      1193     1    10     2     9
  4.5815319668889987E-01 a      1194     1    10     2    10
 -9.6357648609221647E-01 a      1195     1    10     2    11
  8.5847752753168041E-02 a      1196     1    10     2    12
  4.0789957530027571E-01 a      1197     1    10     2    13
 -1.6168419562855119E+00 a      1198     1    10     2    14
  2.5685125061723548E+00 a      1199     1    10     2    15
  3.3246213359017551E-01 a      1200     1    10     2    16
 -5.6990407569687329E-01 a      1201     1    11     2     1
 -2.2540890959675028E-01 a      1202     1    11     2     2
 -3.4409526894285412E-02 a      1203     1    11     2     3
 -4.5039572602451239E-01 a      1204     1    11     2     4
  3.1812367589383389E-01 a      1205     1    11     2     5
  4.2513845398062605E-01 a      1206     1    11     2     6
  4.2214974037738229E-01 a      1207     1    11     2     7
 -3.9877179884303998E-01 a      1208     1    11     2     8
 -9.8538055267109859E-01 a      1209     1    11     2     9
 -3.4405956038857421E-01 a      1210     1    11     2    10
 -8.9582518127632282E-01 a      1211     1    11     2    11
 -6.9731745448894400E-01 a      1212     1    11     2    12
 -1.1385385563647095E-01 a      1213     1    11     2    13
 -8.3124925617438572E-01 a      1214     1    11     2    14
 -4.8863783182602422E-01 a      1215     1    11     2    15
  1.2333940505615361E-01 a      1216     1    11     2    16
  7.1075229733103373E-01 a      1217     1    12     2     1
 -3.2734287253166283E-01 a      1218     1    12     2     2
 -4.1098969579869288E-01 a      1219     1    12     2     3
 -4.3228204561800038E-01 a      1220     1    12     2     4
 -3.0525824644330887E-02 a      1221     1    12     2     5
 -4.3321565882067786E-01 a      1222     1    12     2     6
 -4.9208877341112350E-01 a      1223     1    12     2     7
 -4.7835854639404995E-01 a      1224     1    12     2     8
  1.0222182151229138E+00 a      1225     1    12     2     9
  4.2061461974015146E-01 a      1226     1    12     2    10
 -8.5597296403759238E-01 a      1227     1    12     2    11
  3.4748028521810470E-01 a      1228     1    12     2    12
  1.5136283228042971E-01 a      1229     1    12     2    13
 -9.4906001764291859E-01 a      1230     1    12     2    14
 -2.1524620780464541E+00 a      1231     1    12     2    15
  1.4321387958957268E-01 a      1232     1    12     2    16
  1.9622642074004439E+00 a      1233     1    13     2     1
  3.3812864953527844E-01 a      1234     1    13     2     2
 -2.2072219933518566E-01 a      1235     1    13     2     3
  1.1859033545765628E-01 a      1236     1    13     2     4
 -4.0463066184481794E-01 a      1237     1    13     2     5
  2.6719901676908336E-01 a      1238     1    13     2     6
  2.0650800876688633E-01 a      1239     1    13     2     7
  4.5457403176359695E-01 a      1240     1    13     2     8
 -1.1262018034814418E+00 a      1241     1    13     2     9
  7.0019844721217223E-02 a      1242     1    13     2    10
  4.5809430167038784E-01 a      1243     1    13     2    11
  3.5942024510672710E-01 a      1244     1    13     2    12
  4.9178902783582945E-01 a      1245     1    13     2    13
  1.9264233513253773E-01 a      1246     1    13     2    14
  2.7677782563912925E+00 a      1247     1    13     2    15
 -6.4842746600291579E-01 a      1248     1    13     2    16
  7.1122390893274234E-01 a      1249     1    14     2     1
 -2.3881049122291650E-01 a      1250     1    14     2     2
  5.9550308279591242E-02 a      1251     1    14     2     3
  5.2794600244504664E-01 a      1252     1    14     2     4
 -7.9530128120417609E-01 a      1253     1    14     2     5
  6.3426322631090004E-01 a      1254     1    14     2     6
 -6.0933548395388837E-01 a      1255     1    14     2     7
 -9.3935246224814153E-02 a      1256     1    14     2     8
  8.1527963769917888E-01 a      1257     1    14     2     9
  3.2840325181617547E-01 a      1258     1    14     2    10
 -3.3621630002763492E-01 a      1259     1    14     2    11
  9.8595779033472566E-02 a      1260     1    14     2    12
 -1.1782499947262361E+00 a      1261     1    14     2    13
  3.2114460965322900E-01 a      1262     1    14     2    14
 -3.2957935430218868E+00 a      1263     1    14     2    15
 -2.5539812723404454E-01 a      1264     1    14     2    16
  1.3610287002200405E+00 a      1265     1    15     2     1
  4.0716058936120320E-01 a      1266     1    15     2     2
 -1.7034135453551535E+00 a      1267     1    15     2     3
  2.1680466400782386E-01 a      1268     1    15     2     4
  7.1807824875555093E-01 a      1269     1    15     2     5
  1.3733815722302321E+00 a      1270     1    15     2     6
  7.2823200631493878E-01 a      1271     1    15     2     7
 -4.9830952832290654E-01 a      1272     1    15     2     8
 -8.0424327061183953E-01 a      1273     1    15     2     9
  4.6568814409991377E-01 a      1274     1    15     2    10
 -5.3143661704083189E-01 a      1275     1    15     2    11
 -3.4714046010806771E-02 a      1276     1    15     2    12
  2.6261489979917615E-02 a      1277     1    15     2    13
  6.3763446523859024E-01 a      1278     1    15     2    14
 -1.6415045562327482E+00 a      1279     1    15     2    15
 -6.1313388547669809E-02 a      1280     1    15     2    16
 -5.6645324977799849E-01 a      1281     1    16     2     1
  7.2786895239880045E-01 a      1282     1    16     2     2
 -5.2820115536692980E-01 a      1283     1    16     2     3
 -5.1813396290397262E-01 a      1284     1    16     2     4
  3.2272790950611259E-02 a      1285     1    16     2     5
  6.8439304335468121E-01 a      1286     1    16     2     6
  3.2308371968573169E-01 a      1287     1    16     2     7
  3.3965347424250203E-01 a      1288     1    16     2     8
 -7.4781806873472412E-01 a      1289     1    16     2     9
 -2.9514210760823451E-01 a      1290     1    16     2    10
  6.9968609504341284E-01 a      1291     1    16     2    11
  2.6371022925608079E-01 a      1292     1    16     2    12
  4.9498427368957909E-01 a      1293     1    16     2    13
  1.0203914490025354E+00 a      1294     1    16     2    14
  2.1671278980906710E+00 a      1295     1    16     2    15
 -8.3702553689010403E-02 a      1296     1    16     2    16
 -7.0637999010664798E-01 b      1297     2     1
  2.6340312025745427E-01 b      1298     2     2
  2.9570476635440848E+00 b      1299     2     3
 -9.4855675096084036E-01 b      1300     2     4
 -7.2519174012630628E-03 b      1301     2     5
 -3.2638268866148485E+00 b      1302     2     6
 -7.9189878520194901E-01 b      1303     2     7
 -5.2219650713379717E-01 b      1304     2     8
 -2.1158417000915919E+00 b      1305     2     9
 -6.8653787405110112E-01 b      1306     2    10
 -1.0514500699620200E-01 b      1307     2    11
 -4.6302006437008469E-01 b      1308     2    12
 -1.2529256051484319E+00 b      1309     2    13
 -1.4862203039034885E+00 b      1310     2    14
  5.4126282324772621E+00 b      1311     2    15
  8.5970233702399690E-01 b      1312     2    16
 -1.4612142299476091E-02 a      1313     2     1     3     1
 -1.1631438134719640E-01 a      1314     2     2     3     1
  6.7074917366520478E-02 a      1315     2     3     3     1
 -1.0138402848095820E+00 a      1316     2     4     3     1
  1.5005160519122032E-01 a      1317     2     5     3     1
  3.6071945169543429E-02 a      1318     2     6     3     1
 -7.1346711237529031E-02 a      1319     2     7     3     1
  9.2858692834040979E-01 a      1320     2     8     3     1
  3.0753596134924156E-02 a      1321     2     9     3     1
  8.0562655955569451E-01 a      1322     2    10     3     1
 -4.2626587146013882E-02 a      1323     2    11     3     1
  9.9845537503902859E-01 a      1324     2    12     3     1
 -4.2267130235998362E-01 a      1325     2    13     3     1
 -2.0011277554219623E-01 a      1326     2    14     3     1
  1.8076306321471742E-03 a      1327     2    15     3     1
 -3.7778150179368181E-01 a      1328     2    16     3     1
 -2.0336995315124171E-01 b      1329     3     1
