################################################################################
# Neural network connection values (weights and biases).
################################################################################
# Col  Name       Description
################################################################################
# 1    connection Neural network connection value.
# 2    t          Connection type (a = weight, b = bias).
# 3    index      Index enumerating weights.
# 4    l_s        Starting point layer (end point layer for biases).
# 5    n_s        Starting point neuron in starting layer (end point neuron for biases).
# 6    l_e        End point layer.
# 7    n_e        End point neuron in end layer.
################################################################################
#                      1 2         3     4     5     6     7
#             connection t     index   l_s   n_s   l_e   n_e
############################################################
 -4.2472324908779190E-02 a         1     0     1     1     1
  1.2377435302531703E+00 a         2     0     1     1     2
 -9.0358990886688573E-01 a         3     0     1     1     3
 -3.9192239160629783E-01 a         4     0     1     1     4
  8.8309237176790589E-01 a         5     0     1     1     5
 -6.2136930934901380E-01 a         6     0     1     1     6
  9.1164071497560450E-01 a         7     0     1     1     7
  1.9112692496301326E-01 a         8     0     1     1     8
 -1.1808187467759792E+00 a         9     0     1     1     9
  2.6999629574641365E-01 a        10     0     1     1    10
 -1.1243308542767736E+00 a        11     0     1     1    11
 -2.8724201599569898E-01 a        12     0     1     1    12
 -4.0504193532502723E-02 a        13     0     1     1    13
 -4.2076950831831683E-01 a        14     0     1     1    14
  2.6017905840579547E-01 a        15     0     1     1    15
 -5.8603712659061447E-01 a        16     0     1     1    16
 -2.4937835700898523E+00 a        17     0     1     1    17
 -1.0277386227337493E+00 a        18     0     1     1    18
 -2.5045035187858483E-01 a        19     0     1     1    19
 -1.4704677599145146E+00 a        20     0     1     1    20
 -2.3787448740905459E+00 a        21     0     1     1    21
 -9.4688154633907895E-01 a        22     0     1     1    22
  2.8131567543087871E-01 a        23     0     1     1    23
  2.4982065084862350E+00 a        24     0     1     1    24
  1.6847002400934546E-02 a        25     0     2     1     1
  1.9878245055152826E+00 a        26     0     2     1     2
  1.0062657581468095E+00 a        27     0     2     1     3
  2.3525319367886617E+00 a        28     0     2     1     4
  4.1776051798660346E-01 a        29     0     2     1     5
  1.6173290480845712E+00 a        30     0     2     1     6
  4.0411281619074424E-01 a        31     0     2     1     7
 -2.7724759308193164E-01 a        32     0     2     1     8
 -3.2385430327083281E-01 a        33     0     2     1     9
  1.9334214643797076E+00 a        34     0     2     1    10
  1.0211216915537877E-01 a        35     0     2     1    11
  8.2700954607468291E-01 a        36     0     2     1    12
 -1.3482777038913056E+00 a        37     0     2     1    13
 -2.5540541838555975E-01 a        38     0     2     1    14
 -1.6651631542263337E+00 a        39     0     2     1    15
  1.4661897847412293E+00 a        40     0     2     1    16
  3.1008345447806149E-02 a        41     0     2     1    17
 -1.5862326134963023E+00 a        42     0     2     1    18
 -4.9138410176754593E-01 a        43     0     2     1    19
 -5.3967410350380207E-01 a        44     0     2     1    20
  1.3383221262238441E+00 a        45     0     2     1    21
  3.9619469470705870E-01 a        46     0     2     1    22
  3.0975433621446691E-01 a        47     0     2     1    23
 -1.4718577559042449E+00 a        48     0     2     1    24
 -2.1731472680968364E+00 a        49     0     3     1     1
  4.7917516078515403E+00 a        50     0     3     1     2
  1.0328294590061675E+00 a        51     0     3     1     3
  2.8120720108781656E+00 a        52     0     3     1     4
  3.9810369961492333E+00 a        53     0     3     1     5
  1.2085575125337694E+01 a        54     0     3     1     6
 -1.1777126419614650E+01 a        55     0     3     1     7
  5.5144113278008637E+00 a        56     0     3     1     8
  1.5214726239657949E+01 a        57     0     3     1     9
 -2.5250961616288836E+00 a        58     0     3     1    10
 -1.3921949625720669E+00 a        59     0     3     1    11
 -2.8430724780460723E+00 a        60     0     3     1    12
 -6.5520089438978246E+00 a        61     0     3     1    13
  3.5237206822018012E+00 a        62     0     3     1    14
 -3.0571340860317657E+00 a        63     0     3     1    15
  8.5006087267136792E+00 a        64     0     3     1    16
  1.6113041770702730E-01 a        65     0     3     1    17
 -6.4748895519263785E+00 a        66     0     3     1    18
 -6.6638152558892472E-01 a        67     0     3     1    19
  2.8177053574961124E+00 a        68     0     3     1    20
 -4.7959640449270013E+00 a        69     0     3     1    21
 -1.8541992967351245E+01 a        70     0     3     1    22
 -4.3507276267529887E-01 a        71     0     3     1    23
  3.3923187554444976E+00 a        72     0     3     1    24
  2.0107204830037091E+00 a        73     0     4     1     1
 -2.1756879779145097E+00 a        74     0     4     1     2
 -2.4403528691178220E+00 a        75     0     4     1     3
 -1.2610714105346656E+00 a        76     0     4     1     4
 -6.3763585082317142E+00 a        77     0     4     1     5
 -1.4862360854739910E+01 a        78     0     4     1     6
  9.4589349564021283E+00 a        79     0     4     1     7
 -5.3713118655988072E+00 a        80     0     4     1     8
 -1.7705585660380809E+01 a        81     0     4     1     9
  4.8678488918176910E-01 a        82     0     4     1    10
  6.5352823317306985E+00 a        83     0     4     1    11
  1.0295054671386877E+01 a        84     0     4     1    12
  9.7928753722726238E+00 a        85     0     4     1    13
 -4.7639910441284803E+00 a        86     0     4     1    14
  7.8013360453599336E+00 a        87     0     4     1    15
 -1.1644433210123269E+01 a        88     0     4     1    16
 -1.2298282197095526E+01 a        89     0     4     1    17
  9.4302079624909858E+00 a        90     0     4     1    18
 -2.2958905717513418E+00 a        91     0     4     1    19
 -5.6938955211090763E+00 a        92     0     4     1    20
  1.1761724992966348E+01 a        93     0     4     1    21
  2.0544480992675865E+01 a        94     0     4     1    22
  2.7994512298844882E+00 a        95     0     4     1    23
 -2.4598260077103449E+00 a        96     0     4     1    24
  3.0585509008887481E-02 a        97     0     5     1     1
 -8.7584125638100685E-01 a        98     0     5     1     2
  4.9642490824345892E-01 a        99     0     5     1     3
  4.6299133305055590E-01 a       100     0     5     1     4
 -3.1892372321563514E-02 a       101     0     5     1     5
  2.7456048639907898E-01 a       102     0     5     1     6
 -8.6261375934241935E-01 a       103     0     5     1     7
  2.8319313185249943E-02 a       104     0     5     1     8
  1.9937303145415777E-02 a       105     0     5     1     9
 -3.7016457011790849E-01 a       106     0     5     1    10
  5.4977677313910145E-01 a       107     0     5     1    11
  3.2861551686511314E-01 a       108     0     5     1    12
 -2.6389921692853940E-01 a       109     0     5     1    13
 -4.8132166526665432E-01 a       110     0     5     1    14
 -5.2336056934160191E-01 a       111     0     5     1    15
 -3.8058940153642734E-01 a       112     0     5     1    16
 -8.0747591453648029E-02 a       113     0     5     1    17
  3.6886345410382354E-01 a       114     0     5     1    18
 -3.4212493103022920E-02 a       115     0     5     1    19
  6.5772430503583001E-01 a       116     0     5     1    20
 -1.6152566678734919E-02 a       117     0     5     1    21
 -1.3387969403240269E-01 a       118     0     5     1    22
  3.3564756267035817E-01 a       119     0     5     1    23
 -1.0656326820596309E+00 a       120     0     5     1    24
 -2.5457578292549693E-01 a       121     0     6     1     1
 -9.5133131846449503E-01 a       122     0     6     1     2
  2.4605851603233805E-01 a       123     0     6     1     3
 -6.5973972766456646E-01 a       124     0     6     1     4
 -1.3941804387155335E-01 a       125     0     6     1     5
 -5.1341708262020558E-01 a       126     0     6     1     6
 -3.6026313900884399E-01 a       127     0     6     1     7
  2.4526535175097125E-01 a       128     0     6     1     8
  3.6238562171363475E-01 a       129     0     6     1     9
 -6.6776368580418854E-01 a       130     0     6     1    10
  1.0419139373479788E-01 a       131     0     6     1    11
 -5.7600483873736019E-01 a       132     0     6     1    12
  3.7014583883639351E-01 a       133     0     6     1    13
  6.8260012013430446E-02 a       134     0     6     1    14
  5.7227064833591690E-01 a       135     0     6     1    15
 -9.6726703024881544E-01 a       136     0     6     1    16
 -6.6651741442746715E-01 a       137     0     6     1    17
  5.2845114521146108E-01 a       138     0     6     1    18
 -2.2461233374751789E-02 a       139     0     6     1    19
  4.7404319809397372E-01 a       140     0     6     1    20
 -3.6271143492631264E-01 a       141     0     6     1    21
 -1.4013039428227655E-01 a       142     0     6     1    22
  1.8807618417212235E-01 a       143     0     6     1    23
 -4.2335113634324378E-02 a       144     0     6     1    24
  3.0287437261650973E-01 a       145     0     7     1     1
 -2.4347716274556683E+00 a       146     0     7     1     2
  1.2302539138541362E+00 a       147     0     7     1     3
  1.8250692004101593E-01 a       148     0     7     1     4
  7.7661623149901882E+00 a       149     0     7     1     5
  7.9838252130762655E+00 a       150     0     7     1     6
 -1.1714653457617021E+00 a       151     0     7     1     7
  1.0411454061608209E-01 a       152     0     7     1     8
  8.1375509922083129E+00 a       153     0     7     1     9
  3.6594233917084109E+00 a       154     0     7     1    10
 -4.1669083813097902E+00 a       155     0     7     1    11
 -1.0332541678953284E+01 a       156     0     7     1    12
 -6.6340424648214578E+00 a       157     0     7     1    13
  1.1480344038030965E+00 a       158     0     7     1    14
 -8.2856906129863255E+00 a       159     0     7     1    15
  7.0065026121145575E+00 a       160     0     7     1    16
  1.6329631367088780E+01 a       161     0     7     1    17
 -4.7129746006644275E+00 a       162     0     7     1    18
  3.9580816862148605E+00 a       163     0     7     1    19
  2.7798067003173497E+00 a       164     0     7     1    20
 -1.0053253920959559E+01 a       165     0     7     1    21
 -7.1522932836459061E+00 a       166     0     7     1    22
 -3.1426706461155227E+00 a       167     0     7     1    23
 -7.7133160219177654E-01 a       168     0     7     1    24
 -1.2451734428725676E+00 a       169     0     8     1     1
  1.8820302881572752E+00 a       170     0     8     1     2
  1.3610673971430748E-01 a       171     0     8     1     3
 -4.2482003139710689E-01 a       172     0     8     1     4
 -4.4415999784181182E+00 a       173     0     8     1     5
 -3.1408711525460373E+00 a       174     0     8     1     6
 -1.5611365764671561E-01 a       175     0     8     1     7
  1.2503609152522205E-01 a       176     0     8     1     8
 -2.6471432257511140E+00 a       177     0     8     1     9
 -2.8515740181344098E+00 a       178     0     8     1    10
  1.7574026474777824E+00 a       179     0     8     1    11
  4.6753321949178970E+00 a       180     0     8     1    12
  2.4679666110286713E+00 a       181     0     8     1    13
  9.9589290275829079E-01 a       182     0     8     1    14
  4.2811013010806684E+00 a       183     0     8     1    15
 -2.9471581653390877E+00 a       184     0     8     1    16
 -8.0014012858697061E+00 a       185     0     8     1    17
  1.7149564813264286E+00 a       186     0     8     1    18
 -2.1585241258179564E+00 a       187     0     8     1    19
 -1.2347953579986315E+00 a       188     0     8     1    20
  5.1149129314842501E+00 a       189     0     8     1    21
  1.2744262240562241E+00 a       190     0     8     1    22
  1.8481953028984957E+00 a       191     0     8     1    23
  1.7517424754385493E+00 a       192     0     8     1    24
  1.0413999477816521E+01 a       193     0     9     1     1
 -7.4288358736009990E+00 a       194     0     9     1     2
  1.0207581639992748E+01 a       195     0     9     1     3
 -8.0148914293914579E+00 a       196     0     9     1     4
  4.6912445181033052E-01 a       197     0     9     1     5
 -4.7969286756381102E+00 a       198     0     9     1     6
  1.1281548908565593E+01 a       199     0     9     1     7
 -5.9575287164317245E+00 a       200     0     9     1     8
  2.4179371904747640E+01 a       201     0     9     1     9
  6.6683132436186296E+00 a       202     0     9     1    10
 -1.0090732633940945E+01 a       203     0     9     1    11
  3.6964528464556827E+00 a       204     0     9     1    12
  2.2402677225183162E+01 a       205     0     9     1    13
  3.6135106088168354E+00 a       206     0     9     1    14
  3.5010656752667830E+00 a       207     0     9     1    15
  2.0258051874502801E+01 a       208     0     9     1    16
  1.9058490303648256E+01 a       209     0     9     1    17
 -3.2628875693359092E+00 a       210     0     9     1    18
  1.5420361486587839E+00 a       211     0     9     1    19
  9.0488491503158262E+00 a       212     0     9     1    20
  9.8959581002968167E-01 a       213     0     9     1    21
  2.5350344847666193E+00 a       214     0     9     1    22
 -3.8017337724636930E+00 a       215     0     9     1    23
 -1.3423440468371410E+01 a       216     0     9     1    24
 -1.4216434481727374E+00 a       217     0    10     1     1
 -3.1305741502108910E+00 a       218     0    10     1     2
 -1.7866587812687462E-01 a       219     0    10     1     3
 -1.2120800709774207E-01 a       220     0    10     1     4
 -1.5586821034561777E+00 a       221     0    10     1     5
 -1.5598542250951075E+00 a       222     0    10     1     6
  1.1736548973087784E+00 a       223     0    10     1     7
 -2.2103045564658808E+00 a       224     0    10     1     8
  9.8277737495954220E-01 a       225     0    10     1     9
  1.7240020453749021E+00 a       226     0    10     1    10
  1.8804296283591355E+00 a       227     0    10     1    11
 -4.6799926842519683E+00 a       228     0    10     1    12
  2.2810258992160710E+00 a       229     0    10     1    13
 -1.8733650383959868E+00 a       230     0    10     1    14
  2.5279903954657521E+00 a       231     0    10     1    15
  3.2576370115227898E-01 a       232     0    10     1    16
 -1.3621381635282599E+00 a       233     0    10     1    17
  7.1544218712312346E-01 a       234     0    10     1    18
  7.2171071425335603E-02 a       235     0    10     1    19
 -2.4814191442364484E+00 a       236     0    10     1    20
  2.0138078949989242E+00 a       237     0    10     1    21
 -2.2614963849820335E+00 a       238     0    10     1    22
 -3.4712166936205793E+00 a       239     0    10     1    23
 -3.6729194205280615E+00 a       240     0    10     1    24
  1.0608473403117307E+01 a       241     0    11     1     1
 -1.3836869136255293E+01 a       242     0    11     1     2
  1.2196173431340002E+01 a       243     0    11     1     3
 -1.1647631808711738E+01 a       244     0    11     1     4
 -9.5000841233752862E+00 a       245     0    11     1     5
  9.4367209995607593E-01 a       246     0    11     1     6
  1.6353249877373376E+01 a       247     0    11     1     7
  2.3416025245362286E+00 a       248     0    11     1     8
 -5.7042884777535974E-01 a       249     0    11     1     9
  1.4440447896611024E+01 a       250     0    11     1    10
 -3.4031566828996716E+01 a       251     0    11     1    11
 -1.1193235946899255E+01 a       252     0    11     1    12
  5.5231344278562782E+00 a       253     0    11     1    13
  2.6851675766381842E+00 a       254     0    11     1    14
 -1.1595900402847383E+00 a       255     0    11     1    15
 -4.5833036400217777E+00 a       256     0    11     1    16
  1.0288411630197022E+01 a       257     0    11     1    17
  1.2500517569368528E+00 a       258     0    11     1    18
  8.1071798590572310E+00 a       259     0    11     1    19
  5.2353757278123023E+00 a       260     0    11     1    20
 -7.6577669621933859E+00 a       261     0    11     1    21
  1.0622448201279559E+01 a       262     0    11     1    22
 -1.6503707795931877E+01 a       263     0    11     1    23
 -1.6414503436675904E+01 a       264     0    11     1    24
 -4.2448872460581262E+00 a       265     0    12     1     1
  1.2105540684222415E+01 a       266     0    12     1     2
  1.0099432871455035E+01 a       267     0    12     1     3
  8.8059799241218517E+00 a       268     0    12     1     4
 -1.2322495435405779E+01 a       269     0    12     1     5
  1.1045899947599894E+01 a       270     0    12     1     6
 -7.7556613377553452E-01 a       271     0    12     1     7
  1.2407066595729066E+01 a       272     0    12     1     8
 -8.4302508282820803E+00 a       273     0    12     1     9
 -5.0380701133762882E+00 a       274     0    12     1    10
  1.1789029285387553E+01 a       275     0    12     1    11
 -2.3889785061242779E+00 a       276     0    12     1    12
 -3.7473650495991428E+01 a       277     0    12     1    13
  3.8098755846570906E+00 a       278     0    12     1    14
 -4.4241323720222212E+00 a       279     0    12     1    15
 -9.1858363700813257E+00 a       280     0    12     1    16
  2.1267641817351755E+01 a       281     0    12     1    17
 -1.4063307829568675E+01 a       282     0    12     1    18
  5.4387779536107130E+00 a       283     0    12     1    19
  2.7968425967118971E+00 a       284     0    12     1    20
  3.2254214368426481E+01 a       285     0    12     1    21
  1.9041817194791889E+01 a       286     0    12     1    22
  4.7564701270130127E+00 a       287     0    12     1    23
 -3.2396247004140243E+01 a       288     0    12     1    24
 -1.5377214737637261E+00 a       289     0    13     1     1
  4.5146835797911011E+00 a       290     0    13     1     2
  8.4798548601031587E-01 a       291     0    13     1     3
  1.5253165877351766E+00 a       292     0    13     1     4
 -1.5971601938398523E+00 a       293     0    13     1     5
  4.2882176883339113E-01 a       294     0    13     1     6
 -8.5341690092863842E-01 a       295     0    13     1     7
 -3.0070700091246558E+00 a       296     0    13     1     8
  4.0458296912949965E-01 a       297     0    13     1     9
  1.3777412192862735E+00 a       298     0    13     1    10
  2.7133091347744096E+00 a       299     0    13     1    11
 -3.0073482555974057E-01 a       300     0    13     1    12
 -6.0634385008558822E-01 a       301     0    13     1    13
 -2.0293731188096449E+00 a       302     0    13     1    14
  1.3885599740357908E+00 a       303     0    13     1    15
  2.0394798005599348E+00 a       304     0    13     1    16
  9.3126496481250221E-01 a       305     0    13     1    17
 -3.7424923092829543E+00 a       306     0    13     1    18
  7.4235841641774247E-01 a       307     0    13     1    19
  3.5057351090268518E-01 a       308     0    13     1    20
  4.0592943259854568E+00 a       309     0    13     1    21
  3.3912973855652395E+00 a       310     0    13     1    22
  2.1936768526930796E-02 a       311     0    13     1    23
 -3.2913209676377169E+00 a       312     0    13     1    24
  3.8748720538516084E+00 a       313     0    14     1     1
 -2.3707632914361294E+01 a       314     0    14     1     2
  1.7697697764850247E+01 a       315     0    14     1     3
 -8.3985587821397312E-01 a       316     0    14     1     4
  1.6476580404475211E+01 a       317     0    14     1     5
 -4.0616266893486547E+01 a       318     0    14     1     6
  2.1182990279028580E+01 a       319     0    14     1     7
 -1.2795136384256580E+01 a       320     0    14     1     8
 -3.2470935917605779E+01 a       321     0    14     1     9
  1.7304410697506423E+01 a       322     0    14     1    10
  6.0867710728534075E+00 a       323     0    14     1    11
 -7.5039209681926833E+00 a       324     0    14     1    12
 -1.5460427151473667E+01 a       325     0    14     1    13
 -5.0536752584741018E+00 a       326     0    14     1    14
 -1.3107436130053843E+01 a       327     0    14     1    15
 -1.4532751113899000E+01 a       328     0    14     1    16
  2.9070209101048537E+01 a       329     0    14     1    17
 -1.2848179207334159E+01 a       330     0    14     1    18
 -1.4305562534356076E+01 a       331     0    14     1    19
  2.5332486707677756E+01 a       332     0    14     1    20
 -5.1962210543745314E+01 a       333     0    14     1    21
  3.9740705774269571E+01 a       334     0    14     1    22
 -2.4197628775821416E+00 a       335     0    14     1    23
 -2.5441993788449846E+01 a       336     0    14     1    24
 -1.8334612918332684E-02 a       337     0    15     1     1
  6.7081657322437693E-01 a       338     0    15     1     2
  1.3388852467530914E+00 a       339     0    15     1     3
  1.5948198107411287E+00 a       340     0    15     1     4
 -1.3109559090338967E+00 a       341     0    15     1     5
  4.7821602523644474E-01 a       342     0    15     1     6
  3.5943160149480347E-01 a       343     0    15     1     7
  1.6585781080153492E+00 a       344     0    15     1     8
 -1.2092458222689006E-01 a       345     0    15     1     9
 -6.5920400817827429E-01 a       346     0    15     1    10
  5.4830913156111161E-01 a       347     0    15     1    11
  1.5196166847605330E-01 a       348     0    15     1    12
 -5.2996585175502808E+00 a       349     0    15     1    13
  8.0851538590073646E-01 a       350     0    15     1    14
 -1.0252641478114634E-01 a       351     0    15     1    15
  5.0241828105529150E-02 a       352     0    15     1    16
  2.0275111219988666E+00 a       353     0    15     1    17
 -3.1989720018740697E+00 a       354     0    15     1    18
  2.4757762639047687E-01 a       355     0    15     1    19
 -1.2791289889695351E-01 a       356     0    15     1    20
  4.9157529018776263E+00 a       357     0    15     1    21
  9.4870087908094647E-01 a       358     0    15     1    22
  2.2409545200699679E+00 a       359     0    15     1    23
 -3.6723013079247280E+00 a       360     0    15     1    24
 -1.1024177866860045E+00 a       361     0    16     1     1
  3.2799673736540452E-01 a       362     0    16     1     2
  4.6904595989748799E-01 a       363     0    16     1     3
  9.0709802641284132E-01 a       364     0    16     1     4
 -7.9433384220185022E-01 a       365     0    16     1     5
  1.0524987763492659E+00 a       366     0    16     1     6
 -7.2340860976412436E-01 a       367     0    16     1     7
 -1.3726520309759438E+00 a       368     0    16     1     8
  1.0151633692481114E-01 a       369     0    16     1     9
  2.0883094715159353E-01 a       370     0    16     1    10
  1.8882474143257995E+00 a       371     0    16     1    11
 -1.8697437107262886E+00 a       372     0    16     1    12
 -3.7423020883774905E-01 a       373     0    16     1    13
 -1.2410277633861906E+00 a       374     0    16     1    14
  1.2379560604274826E+00 a       375     0    16     1    15
 -1.1193491633529664E+00 a       376     0    16     1    16
 -9.3222656414867960E-02 a       377     0    16     1    17
 -2.7555898187856305E+00 a       378     0    16     1    18
  1.0089309592492071E+00 a       379     0    16     1    19
 -4.6187224916925257E-01 a       380     0    16     1    20
  3.6289814721413869E+00 a       381     0    16     1    21
  2.2319502386043650E+00 a       382     0    16     1    22
 -1.6098628579777403E+00 a       383     0    16     1    23
 -3.6533578971135796E+00 a       384     0    16     1    24
  4.4951270502420987E-01 a       385     0    17     1     1
 -5.5101391211996260E+00 a       386     0    17     1     2
  1.3844361104614966E+00 a       387     0    17     1     3
 -2.7189440996891934E-04 a       388     0    17     1     4
  2.1472221260924247E+00 a       389     0    17     1     5
 -2.3910040710071692E+00 a       390     0    17     1     6
  5.2333295479074138E-01 a       391     0    17     1     7
 -1.7524628077360294E+00 a       392     0    17     1     8
 -9.9215072841754903E-01 a       393     0    17     1     9
  3.5538985075774727E+00 a       394     0    17     1    10
  7.4888628636318688E-01 a       395     0    17     1    11
 -1.1410916444993016E+00 a       396     0    17     1    12
 -1.9463455310585582E+00 a       397     0    17     1    13
 -1.2104193430290637E+00 a       398     0    17     1    14
  6.7822622491546503E-01 a       399     0    17     1    15
 -2.6224331779405832E+00 a       400     0    17     1    16
 -5.2179325687852129E-01 a       401     0    17     1    17
 -2.6109767735017866E+00 a       402     0    17     1    18
 -1.4884485026236420E+00 a       403     0    17     1    19
  2.8419715031953783E+00 a       404     0    17     1    20
 -5.6352369054368632E+00 a       405     0    17     1    21
  3.9456463506553336E+00 a       406     0    17     1    22
 -2.5622421683626722E+00 a       407     0    17     1    23
 -6.7265140017742002E+00 a       408     0    17     1    24
 -2.6099158559441729E+01 a       409     0    18     1     1
  1.1475881258263945E+01 a       410     0    18     1     2
 -1.8331192697070836E+01 a       411     0    18     1     3
  2.2978333310279780E+01 a       412     0    18     1     4
 -8.6235086242617580E+00 a       413     0    18     1     5
  1.7128779470402890E+01 a       414     0    18     1     6
 -2.7689996799615280E+01 a       415     0    18     1     7
  1.6690539396661880E+01 a       416     0    18     1     8
 -5.5783381945750691E+01 a       417     0    18     1     9
 -1.2857250860231996E+01 a       418     0    18     1    10
  3.2793038661929486E+01 a       419     0    18     1    11
 -1.7320475892246129E+01 a       420     0    18     1    12
 -5.6828914451842024E+01 a       421     0    18     1    13
 -9.4739070106296719E+00 a       422     0    18     1    14
 -9.5163944147285466E+00 a       423     0    18     1    15
 -4.8515295480543891E+01 a       424     0    18     1    16
 -4.2721762492625587E+01 a       425     0    18     1    17
  1.1402302519172181E+01 a       426     0    18     1    18
 -6.1154084208683530E+00 a       427     0    18     1    19
 -1.8736369905109232E+01 a       428     0    18     1    20
  9.8870168000375145E+00 a       429     0    18     1    21
 -3.3691725189348625E+00 a       430     0    18     1    22
  3.1153861793575603E+00 a       431     0    18     1    23
  1.5082319829881522E+01 a       432     0    18     1    24
  5.6182769012258635E+00 a       433     0    19     1     1
 -5.5793698776956564E+00 a       434     0    19     1     2
 -1.1491686244088333E+00 a       435     0    19     1     3
 -1.8563041376967919E+00 a       436     0    19     1     4
  4.5994327637930237E+00 a       437     0    19     1     5
 -7.0570296898376661E-01 a       438     0    19     1     6
  3.8598406343855300E-02 a       439     0    19     1     7
  8.2486614764519928E+00 a       440     0    19     1     8
 -1.4618052700669277E+00 a       441     0    19     1     9
 -5.1588284497143526E+00 a       442     0    19     1    10
 -4.8655917331187020E+00 a       443     0    19     1    11
  3.9897253206999634E+00 a       444     0    19     1    12
  9.1147810294913845E-01 a       445     0    19     1    13
  3.1309689649781989E+00 a       446     0    19     1    14
 -5.8029479808992201E+00 a       447     0    19     1    15
 -3.7872716148461434E+00 a       448     0    19     1    16
 -8.6697097788581978E-01 a       449     0    19     1    17
  7.2361633897151219E+00 a       450     0    19     1    18
 -2.0766345520418006E+00 a       451     0    19     1    19
  1.7341430298170617E+00 a       452     0    19     1    20
 -9.2872704345649577E+00 a       453     0    19     1    21
 -6.7189053910366479E+00 a       454     0    19     1    22
  3.4629049288156084E+00 a       455     0    19     1    23
  1.0013890311229869E+01 a       456     0    19     1    24
 -2.5925821320882438E+01 a       457     0    20     1     1
  2.6259970800064423E+01 a       458     0    20     1     2
 -3.1932279896702443E+01 a       459     0    20     1     3
  3.5686747523508558E+01 a       460     0    20     1     4
  2.5585913989988725E+01 a       461     0    20     1     5
 -2.6198444899063279E+01 a       462     0    20     1     6
 -1.6797005584707392E+01 a       463     0    20     1     7
 -1.2840294361248120E+01 a       464     0    20     1     8
 -2.6581041404468980E+01 a       465     0    20     1     9
 -2.8880674804663151E+01 a       466     0    20     1    10
  9.1089039563306770E+01 a       467     0    20     1    11
  2.2836330602679265E+01 a       468     0    20     1    12
 -1.2136287885429434E+01 a       469     0    20     1    13
 -1.4674227689308552E+01 a       470     0    20     1    14
 -4.6816920994269040E+00 a       471     0    20     1    15
  7.5023224443347445E+00 a       472     0    20     1    16
 -8.6177305445256263E+00 a       473     0    20     1    17
  3.2229710555819335E+00 a       474     0    20     1    18
 -1.9193600561840160E+01 a       475     0    20     1    19
 -1.7470110709112923E+01 a       476     0    20     1    20
  1.8362307990456905E+01 a       477     0    20     1    21
 -5.6849007498258244E+00 a       478     0    20     1    22
  4.7888882406866294E+01 a       479     0    20     1    23
  3.3841162242893098E+01 a       480     0    20     1    24
  1.2199603408410281E+01 a       481     0    21     1     1
 -8.9635942811925098E+00 a       482     0    21     1     2
  2.8190832289052383E+00 a       483     0    21     1     3
 -1.2022380263052952E+01 a       484     0    21     1     4
  8.8118237017579943E+00 a       485     0    21     1     5
 -1.0075411779165350E+01 a       486     0    21     1     6
  9.9976082582864993E+00 a       487     0    21     1     7
 -1.1700452754267175E+01 a       488     0    21     1     8
  2.4739039971087479E+01 a       489     0    21     1     9
  5.2840178705164247E+00 a       490     0    21     1    10
 -1.6283701934456580E+01 a       491     0    21     1    11
  7.6327400822297093E+00 a       492     0    21     1    12
  3.8682611205850385E+01 a       493     0    21     1    13
  2.4122243576598810E+00 a       494     0    21     1    14
  4.0011653058695265E+00 a       495     0    21     1    15
  2.1777383904557610E+01 a       496     0    21     1    16
  8.1612000959015845E+00 a       497     0    21     1    17
  2.7171969123447259E+00 a       498     0    21     1    18
  4.3710926125554844E-01 a       499     0    21     1    19
  7.4234215985520349E+00 a       500     0    21     1    20
 -1.7422144974629301E+01 a       501     0    21     1    21
 -5.1205793058629485E+00 a       502     0    21     1    22
 -4.1217737723653203E+00 a       503     0    21     1    23
  7.1239576850395627E+00 a       504     0    21     1    24
  1.0597047760497141E+01 a       505     0    22     1     1
  8.8886376537552791E-01 a       506     0    22     1     2
  8.0469342829608035E+00 a       507     0    22     1     3
 -1.5016825947985062E+01 a       508     0    22     1     4
 -1.7742408155328281E+01 a       509     0    22     1     5
  2.5390838084502263E+01 a       510     0    22     1     6
  1.4728318623950558E+00 a       511     0    22     1     7
  1.1236012128039841E+01 a       512     0    22     1     8
  2.0729203212872008E+01 a       513     0    22     1     9
  4.4204227267768452E+00 a       514     0    22     1    10
 -4.4285230941942636E+01 a       515     0    22     1    11
 -6.2022053549550966E+00 a       516     0    22     1    12
  1.2041025433472319E+01 a       517     0    22     1    13
  8.3591766330224733E+00 a       518     0    22     1    14
  4.9738522147084412E+00 a       519     0    22     1    15
  1.8777160458025532E+00 a       520     0    22     1    16
 -4.3819232363604943E+00 a       521     0    22     1    17
  3.5819619973325323E+00 a       522     0    22     1    18
  1.4498531367854087E+01 a       523     0    22     1    19
 -2.1562940282690368E+00 a       524     0    22     1    20
  1.3671081999459023E+01 a       525     0    22     1    21
 -1.2283871362078877E+01 a       526     0    22     1    22
 -1.8515819720266805E+01 a       527     0    22     1    23
 -2.8388126961409008E+00 a       528     0    22     1    24
  9.6990755957322972E-01 a       529     0    23     1     1
 -1.4550161432866220E+00 a       530     0    23     1     2
  2.1634684143010445E+00 a       531     0    23     1     3
 -2.1724909608993626E+00 a       532     0    23     1     4
  4.4953987726146455E-01 a       533     0    23     1     5
 -8.5079689603831066E-01 a       534     0    23     1     6
  2.6274187173097516E+00 a       535     0    23     1     7
 -1.3043456349480156E+00 a       536     0    23     1     8
  4.6438124390596238E+00 a       537     0    23     1     9
  2.5154701780016171E+00 a       538     0    23     1    10
 -3.5904693573993223E+00 a       539     0    23     1    11
  1.4121345103192740E+00 a       540     0    23     1    12
  2.8649467101811208E+00 a       541     0    23     1    13
  2.4181430627974638E+00 a       542     0    23     1    14
  8.5198082943339193E-01 a       543     0    23     1    15
  4.7799917229567042E+00 a       544     0    23     1    16
  3.5850621127623366E+00 a       545     0    23     1    17
 -2.0153602089187399E+00 a       546     0    23     1    18
  5.6304577319307969E-01 a       547     0    23     1    19
  1.2230833353950283E+00 a       548     0    23     1    20
  9.7133809008521266E-01 a       549     0    23     1    21
  1.1607634440200163E+00 a       550     0    23     1    22
  9.4589002323685223E-01 a       551     0    23     1    23
 -1.5087881813134740E+00 a       552     0    23     1    24
 -2.3417994848835919E+00 a       553     0    24     1     1
 -8.8842549519145719E-01 a       554     0    24     1     2
  4.1867644396188530E-01 a       555     0    24     1     3
 -1.2123010766423483E+00 a       556     0    24     1     4
 -5.2929908826278871E-01 a       557     0    24     1     5
  1.0564805002134068E+00 a       558     0    24     1     6
 -2.3026302239971613E-01 a       559     0    24     1     7
 -1.4695092248234536E+00 a       560     0    24     1     8
 -3.2205047271694753E-01 a       561     0    24     1     9
  9.9365332843015464E-01 a       562     0    24     1    10
  1.0682695432525484E+00 a       563     0    24     1    11
 -1.5086078197660051E+00 a       564     0    24     1    12
 -3.3164865826920527E-02 a       565     0    24     1    13
  8.7396399864882832E-02 a       566     0    24     1    14
  8.7655127959408408E-01 a       567     0    24     1    15
 -1.3406096038758066E+00 a       568     0    24     1    16
  8.2484092551442234E-03 a       569     0    24     1    17
 -9.4688901680691506E-01 a       570     0    24     1    18
  1.4569356251257528E+00 a       571     0    24     1    19
 -8.8983025477189337E-01 a       572     0    24     1    20
  3.0166669048377477E+00 a       573     0    24     1    21
  3.2983288547040086E+00 a       574     0    24     1    22
 -1.7390062062629406E+00 a       575     0    24     1    23
 -2.2364547283881908E+00 a       576     0    24     1    24
  1.9197297875251833E+00 a       577     0    25     1     1
 -4.5693508187405127E+00 a       578     0    25     1     2
  1.9225196858594171E+00 a       579     0    25     1     3
 -3.4079606380550813E+00 a       580     0    25     1     4
 -1.5488637606611630E+00 a       581     0    25     1     5
  2.5336090546775401E+00 a       582     0    25     1     6
  9.4248446348923676E-01 a       583     0    25     1     7
  4.2408413032407327E-01 a       584     0    25     1     8
  1.8704427421861414E+00 a       585     0    25     1     9
  2.7639944082451144E+00 a       586     0    25     1    10
 -7.6913985567683305E+00 a       587     0    25     1    11
 -2.0506918291876222E+00 a       588     0    25     1    12
  1.7752804718163235E+00 a       589     0    25     1    13
  3.1115505902923751E-01 a       590     0    25     1    14
  8.6061820282331403E-01 a       591     0    25     1    15
 -1.5447156480748880E+00 a       592     0    25     1    16
 -9.2940900369655288E-01 a       593     0    25     1    17
  4.2695506228788516E-01 a       594     0    25     1    18
  2.3298021499143711E+00 a       595     0    25     1    19
  1.5576061312342881E+00 a       596     0    25     1    20
 -5.7951159159205934E-01 a       597     0    25     1    21
  1.9106415932292409E+00 a       598     0    25     1    22
 -5.3686779964903977E+00 a       599     0    25     1    23
 -4.7694306548077048E+00 a       600     0    25     1    24
  1.7667892683741702E+00 a       601     0    26     1     1
  6.1622726747591172E-01 a       602     0    26     1     2
  8.4907348926613846E-01 a       603     0    26     1     3
 -1.4982871839347034E+00 a       604     0    26     1     4
  3.2177590210927848E-01 a       605     0    26     1     5
 -4.5636576434180248E-01 a       606     0    26     1     6
  1.2427164390694807E+00 a       607     0    26     1     7
 -3.0851640621953275E-01 a       608     0    26     1     8
  2.0145980385422151E+00 a       609     0    26     1     9
  8.4588071561145250E-01 a       610     0    26     1    10
 -1.0677357976714006E+00 a       611     0    26     1    11
  1.0420565545044571E+00 a       612     0    26     1    12
  2.9781903601932984E+00 a       613     0    26     1    13
 -1.0926691254654288E+00 a       614     0    26     1    14
  2.4184358806951331E-01 a       615     0    26     1    15
  1.1126759298458144E+00 a       616     0    26     1    16
  3.3511912704757565E+00 a       617     0    26     1    17
  7.1162729504180877E-01 a       618     0    26     1    18
  1.1432361987410096E+00 a       619     0    26     1    19
  1.3462364971243335E+00 a       620     0    26     1    20
 -1.4896255550552600E+00 a       621     0    26     1    21
  1.1407452715453583E+00 a       622     0    26     1    22
 -1.7746060275377542E+00 a       623     0    26     1    23
 -2.0623686339678371E+00 a       624     0    26     1    24
  1.1732903869533988E+00 a       625     0    27     1     1
  1.8121735782073984E+00 a       626     0    27     1     2
 -7.1427892255207026E-01 a       627     0    27     1     3
  9.1965985988539023E-01 a       628     0    27     1     4
  2.8520461537611841E-01 a       629     0    27     1     5
 -1.6159264056720752E+00 a       630     0    27     1     6
  5.3916636955306774E-01 a       631     0    27     1     7
  1.6528039179587098E-01 a       632     0    27     1     8
  4.8126462211061577E-01 a       633     0    27     1     9
  1.1758339965321691E+00 a       634     0    27     1    10
 -1.7211324925340468E+00 a       635     0    27     1    11
  2.4278411675502065E+00 a       636     0    27     1    12
 -1.3358296972298292E-01 a       637     0    27     1    13
  2.0121068427241512E-01 a       638     0    27     1    14
 -5.0121743890523851E-01 a       639     0    27     1    15
  3.4752266663608875E+00 a       640     0    27     1    16
  1.8626402511609896E-01 a       641     0    27     1    17
  1.5107921287731061E+00 a       642     0    27     1    18
 -1.1139210949692291E+00 a       643     0    27     1    19
  7.0999433405094603E-01 a       644     0    27     1    20
 -2.9598927967017468E+00 a       645     0    27     1    21
 -2.7633104895380769E+00 a       646     0    27     1    22
  2.1164775853514142E+00 a       647     0    27     1    23
  2.1932084650872574E+00 a       648     0    27     1    24
  1.2352044149774921E+00 a       649     0    28     1     1
  3.9915714381349374E-02 a       650     0    28     1     2
  3.3506007826171254E+00 a       651     0    28     1     3
 -2.3243813216823859E+00 a       652     0    28     1     4
 -9.0528158943926318E-01 a       653     0    28     1     5
 -1.6653155698515749E+00 a       654     0    28     1     6
  2.6699495350949052E+00 a       655     0    28     1     7
  4.8468246783855617E-01 a       656     0    28     1     8
 -6.1521476703149691E-01 a       657     0    28     1     9
  2.5860646579080142E+00 a       658     0    28     1    10
 -4.7531438687204304E+00 a       659     0    28     1    11
 -9.7786107922449106E-01 a       660     0    28     1    12
 -1.2080476118664329E+00 a       661     0    28     1    13
  1.9466330656855340E+00 a       662     0    28     1    14
 -1.8445698648724294E+00 a       663     0    28     1    15
  8.4130777175316995E-01 a       664     0    28     1    16
  4.8351929407665022E+00 a       665     0    28     1    17
  4.4348580652963036E-02 a       666     0    28     1    18
 -3.4838434360390746E-02 a       667     0    28     1    19
  1.9668526713440029E+00 a       668     0    28     1    20
 -5.2850230382511203E+00 a       669     0    28     1    21
  1.2519974006907471E+00 a       670     0    28     1    22
 -2.9405795275914853E-01 a       671     0    28     1    23
  8.3658516704175379E-01 a       672     0    28     1    24
  5.4170400233699487E+00 a       673     0    29     1     1
 -9.7106720062765017E+00 a       674     0    29     1     2
 -7.4821823383225974E+00 a       675     0    29     1     3
 -8.5274743144894920E+00 a       676     0    29     1     4
  1.1654619292797985E+01 a       677     0    29     1     5
 -1.1585533192928420E+01 a       678     0    29     1     6
  2.8760820762483279E+00 a       679     0    29     1     7
 -1.1291603931177837E+01 a       680     0    29     1     8
  9.6127599851830663E+00 a       681     0    29     1     9
  4.8194733482116376E+00 a       682     0    29     1    10
 -1.2684107226670175E+01 a       683     0    29     1    11
  4.3660859387240025E+00 a       684     0    29     1    12
  3.3037669598145087E+01 a       685     0    29     1    13
 -3.8199464583441611E+00 a       686     0    29     1    14
  5.0072169196842164E+00 a       687     0    29     1    15
  1.0560949373608970E+01 a       688     0    29     1    16
 -1.4666035525305769E+01 a       689     0    29     1    17
  8.7760582686383781E+00 a       690     0    29     1    18
 -3.3401940223430997E+00 a       691     0    29     1    19
 -2.3656532108526878E+00 a       692     0    29     1    20
 -2.7058824882014751E+01 a       693     0    29     1    21
 -1.6143518140961469E+01 a       694     0    29     1    22
 -2.5492278385847875E+00 a       695     0    29     1    23
  2.6771173875499002E+01 a       696     0    29     1    24
 -1.1183579044096672E+00 a       697     0    30     1     1
  1.5199022189713071E+01 a       698     0    30     1     2
 -1.1224867828815180E+01 a       699     0    30     1     3
 -3.2305389942443603E+00 a       700     0    30     1     4
 -1.5319841927487602E+01 a       701     0    30     1     5
  3.8888881660541379E+01 a       702     0    30     1     6
 -2.1215620364147039E+01 a       703     0    30     1     7
  1.1477219698665090E+01 a       704     0    30     1     8
  3.4666268588111336E+01 a       705     0    30     1     9
 -1.2996230136418909E+01 a       706     0    30     1    10
 -1.0242992873504946E+01 a       707     0    30     1    11
  2.8895381148992398E+00 a       708     0    30     1    12
  1.2956515683188009E+01 a       709     0    30     1    13
  5.0111788704097453E+00 a       710     0    30     1    14
  1.3063950146915886E+01 a       711     0    30     1    15
  1.2379657781250899E+01 a       712     0    30     1    16
 -2.6396298080093874E+01 a       713     0    30     1    17
  8.7517955888524952E+00 a       714     0    30     1    18
  1.1877706905802308E+01 a       715     0    30     1    19
 -1.8498055431239735E+01 a       716     0    30     1    20
  3.8104581285580473E+01 a       717     0    30     1    21
 -3.6070192742552670E+01 a       718     0    30     1    22
 -3.5926601359018964E+00 a       719     0    30     1    23
  1.7912846648934213E+01 a       720     0    30     1    24
  9.6817421657793001E-02 a       721     0    31     1     1
  2.4327987211840282E-01 a       722     0    31     1     2
 -3.2585776947489159E-01 a       723     0    31     1     3
 -9.5719067493654914E-02 a       724     0    31     1     4
  1.1067350983513043E-01 a       725     0    31     1     5
 -6.0248975620678813E-01 a       726     0    31     1     6
  9.2946401063877318E-02 a       727     0    31     1     7
  6.6968917988321908E-01 a       728     0    31     1     8
  2.7869584921342716E-01 a       729     0    31     1     9
  1.1732272170830260E+00 a       730     0    31     1    10
 -7.4266003192342678E-01 a       731     0    31     1    11
 -5.5393559432181827E-02 a       732     0    31     1    12
 -5.4886894480478954E-01 a       733     0    31     1    13
  3.1499659275861114E-01 a       734     0    31     1    14
  3.6692738439074712E-01 a       735     0    31     1    15
  3.6603512215300123E-02 a       736     0    31     1    16
 -4.8769993133351097E-01 a       737     0    31     1    17
 -4.0597415456247560E-01 a       738     0    31     1    18
 -5.3344929366639748E-01 a       739     0    31     1    19
  2.0489106677151411E-01 a       740     0    31     1    20
 -6.6496202416328065E-01 a       741     0    31     1    21
 -1.2037572932984021E-01 a       742     0    31     1    22
  2.0569008589077631E-01 a       743     0    31     1    23
 -9.1836249817849691E-01 a       744     0    31     1    24
 -1.3376385566584634E-01 a       745     0    32     1     1
  3.3334535609423671E-01 a       746     0    32     1     2
 -3.6937404825658104E-01 a       747     0    32     1     3
  5.4058926888079950E-01 a       748     0    32     1     4
  6.2668759426075776E-02 a       749     0    32     1     5
 -5.0477134485070754E-02 a       750     0    32     1     6
 -2.4461113634027859E-01 a       751     0    32     1     7
 -1.6611548088223252E-01 a       752     0    32     1     8
 -2.2084499337457694E-01 a       753     0    32     1     9
 -4.1571425155488623E-01 a       754     0    32     1    10
  2.1579783906447089E-01 a       755     0    32     1    11
 -6.7753840148371491E-02 a       756     0    32     1    12
  5.2453618940593705E-01 a       757     0    32     1    13
 -2.5420353189182315E-01 a       758     0    32     1    14
 -3.3981476206958250E-01 a       759     0    32     1    15
 -1.2857201338145588E-01 a       760     0    32     1    16
 -2.4448650350498344E-01 a       761     0    32     1    17
  4.9573363747276444E-01 a       762     0    32     1    18
  3.0988771894540079E-01 a       763     0    32     1    19
 -1.5026491814387663E-01 a       764     0    32     1    20
  5.6793238384349454E-01 a       765     0    32     1    21
 -1.0988862792872041E+00 a       766     0    32     1    22
  2.2725187071499786E-02 a       767     0    32     1    23
 -2.0676495169223930E-02 a       768     0    32     1    24
  4.3161847510622392E-01 a       769     0    33     1     1
 -4.6678658904036868E-01 a       770     0    33     1     2
 -2.0627391623389743E-01 a       771     0    33     1     3
  4.5885206922233940E-01 a       772     0    33     1     4
  4.9340385143972515E-02 a       773     0    33     1     5
 -2.7328698027721166E-01 a       774     0    33     1     6
  7.1357691795933864E-01 a       775     0    33     1     7
  1.8463231291554036E-01 a       776     0    33     1     8
 -3.0694887165884771E-01 a       777     0    33     1     9
 -9.8971893862154880E-01 a       778     0    33     1    10
 -1.9311243330590824E-01 a       779     0    33     1    11
  2.0850081425516900E-01 a       780     0    33     1    12
 -1.7033367428393141E-02 a       781     0    33     1    13
 -9.2317068753623582E-02 a       782     0    33     1    14
 -1.0240236636578783E-01 a       783     0    33     1    15
 -9.8642166535553216E-02 a       784     0    33     1    16
  4.6334829785103759E-01 a       785     0    33     1    17
  5.0079612824282127E-01 a       786     0    33     1    18
  1.1272040225890494E-01 a       787     0    33     1    19
 -4.9867514364865545E-01 a       788     0    33     1    20
 -3.4833269364504947E-02 a       789     0    33     1    21
  3.9049966019842890E-02 a       790     0    33     1    22
  3.2657110203583856E-01 a       791     0    33     1    23
  9.1516046338002546E-02 a       792     0    33     1    24
 -8.5361683281755818E-01 a       793     0    34     1     1
  2.7929317191143355E-01 a       794     0    34     1     2
 -1.2069993641820276E-01 a       795     0    34     1     3
 -2.3224651627473138E-02 a       796     0    34     1     4
 -3.2348627349642872E-01 a       797     0    34     1     5
 -5.6168332497242054E-02 a       798     0    34     1     6
  3.3276965913325074E-01 a       799     0    34     1     7
  6.1337857708554777E-01 a       800     0    34     1     8
 -1.8449938917367136E-03 a       801     0    34     1     9
  9.7395187399133520E-01 a       802     0    34     1    10
 -1.4230867764101279E-01 a       803     0    34     1    11
 -5.2814999594109480E-01 a       804     0    34     1    12
 -6.6994670592003502E-01 a       805     0    34     1    13
  7.3766020626249951E-01 a       806     0    34     1    14
 -2.0742239073951593E-01 a       807     0    34     1    15
  2.7118048267662664E-01 a       808     0    34     1    16
  3.5546271453407935E-01 a       809     0    34     1    17
  2.0940579786312244E-01 a       810     0    34     1    18
 -1.5852451420363955E-01 a       811     0    34     1    19
 -1.0738430608925430E-01 a       812     0    34     1    20
  1.2463611183762042E+00 a       813     0    34     1    21
 -4.4379396825219242E-01 a       814     0    34     1    22
 -5.9733273716125412E-02 a       815     0    34     1    23
  2.4556576452729509E-01 a       816     0    34     1    24
  2.4572049698310819E-01 a       817     0    35     1     1
  2.7253094776764297E-01 a       818     0    35     1     2
 -7.2589201751684584E-01 a       819     0    35     1     3
  6.7367666508521240E-01 a       820     0    35     1     4
  4.8315975963588981E-01 a       821     0    35     1     5
  8.3688299374051800E-01 a       822     0    35     1     6
 -4.3887955478601422E-02 a       823     0    35     1     7
 -6.9075802574955503E-01 a       824     0    35     1     8
  4.2288467473990032E-01 a       825     0    35     1     9
 -1.5611107778987536E+00 a       826     0    35     1    10
 -1.2680122701575419E-01 a       827     0    35     1    11
  7.6015945399097606E-01 a       828     0    35     1    12
  1.2424079902339327E+00 a       829     0    35     1    13
  1.4413925181645215E-01 a       830     0    35     1    14
 -1.7688865357581107E-01 a       831     0    35     1    15
  3.1345557386796957E-01 a       832     0    35     1    16
 -1.1847402151493189E+00 a       833     0    35     1    17
  3.0728322814679809E-01 a       834     0    35     1    18
  4.2530998146484450E-01 a       835     0    35     1    19
  1.7567038982673561E-01 a       836     0    35     1    20
 -8.2499010053274335E-01 a       837     0    35     1    21
 -2.0021583449319375E-01 a       838     0    35     1    22
 -5.4774548769046742E-02 a       839     0    35     1    23
 -3.9631148678786521E-01 a       840     0    35     1    24
  2.6566800098956000E-01 a       841     0    36     1     1
 -2.3038848909674498E-01 a       842     0    36     1     2
  4.1065178259648699E-02 a       843     0    36     1     3
  7.6743926972849852E-01 a       844     0    36     1     4
  1.0866818128980356E+00 a       845     0    36     1     5
 -1.8630371633870801E-01 a       846     0    36     1     6
  1.2164262944126120E-02 a       847     0    36     1     7
 -2.7392304048062971E-01 a       848     0    36     1     8
  1.6524924053106244E-01 a       849     0    36     1     9
 -2.5304058140347335E-01 a       850     0    36     1    10
  3.6904562019793363E-01 a       851     0    36     1    11
  6.5082386397655545E-01 a       852     0    36     1    12
  9.7033312616173628E-01 a       853     0    36     1    13
 -1.0123038014737233E+00 a       854     0    36     1    14
  3.0466600611668532E-01 a       855     0    36     1    15
 -2.1714775484140952E-01 a       856     0    36     1    16
 -3.2078682388283604E-02 a       857     0    36     1    17
 -3.7610650297836046E-01 a       858     0    36     1    18
  8.1304368830192417E-02 a       859     0    36     1    19
  2.7030540005377024E-01 a       860     0    36     1    20
 -5.1012981604383389E-01 a       861     0    36     1    21
  7.1812012274014969E-01 a       862     0    36     1    22
 -1.4874696626887529E-01 a       863     0    36     1    23
 -4.7573900362228483E-01 a       864     0    36     1    24
  2.7457169892685096E-01 a       865     0    37     1     1
 -9.2466381550430923E-02 a       866     0    37     1     2
  1.8630690881690375E+00 a       867     0    37     1     3
  3.3799352217455172E+00 a       868     0    37     1     4
  1.4955089322246760E+00 a       869     0    37     1     5
  1.3945420846632623E+00 a       870     0    37     1     6
 -1.1309832794150130E+00 a       871     0    37     1     7
 -7.8942495370449688E+00 a       872     0    37     1     8
 -2.5402951625123382E-01 a       873     0    37     1     9
 -7.9171546218566728E+00 a       874     0    37     1    10
  1.0569452985166714E+00 a       875     0    37     1    11
  6.4633539591155893E+00 a       876     0    37     1    12
  6.9861538492601332E+00 a       877     0    37     1    13
 -2.2725325478197260E+00 a       878     0    37     1    14
  1.8098233321179396E+00 a       879     0    37     1    15
 -1.0256469615267938E+00 a       880     0    37     1    16
 -1.1698759994662868E+00 a       881     0    37     1    17
 -6.4224792654581597E-01 a       882     0    37     1    18
  1.5420450221374880E+00 a       883     0    37     1    19
 -1.7768291480652583E+00 a       884     0    37     1    20
 -7.0757115743306384E-02 a       885     0    37     1    21
 -1.2472705144378557E+00 a       886     0    37     1    22
  1.3490200427279506E+00 a       887     0    37     1    23
  1.3947861155917556E+00 a       888     0    37     1    24
 -1.9134702591427102E-01 a       889     0    38     1     1
  6.1032882263359978E-01 a       890     0    38     1     2
 -4.9220733678069051E-01 a       891     0    38     1     3
  8.2299340120469566E-01 a       892     0    38     1     4
 -1.9508721997031345E-01 a       893     0    38     1     5
 -5.6220759255101882E-01 a       894     0    38     1     6
  2.7714584906517703E-01 a       895     0    38     1     7
 -1.1858963093896087E+00 a       896     0    38     1     8
  3.5079147503115596E-02 a       897     0    38     1     9
 -3.2004808101198279E+00 a       898     0    38     1    10
  1.5053662625446091E+00 a       899     0    38     1    11
  8.2136211771128376E-01 a       900     0    38     1    12
  1.5932006501529608E+00 a       901     0    38     1    13
  3.9519880150397324E-01 a       902     0    38     1    14
  4.9776743384281574E-01 a       903     0    38     1    15
  4.9183818617233910E-01 a       904     0    38     1    16
  7.1516239390313419E-01 a       905     0    38     1    17
 -2.4037638467927178E-01 a       906     0    38     1    18
 -2.7579925847495668E-01 a       907     0    38     1    19
  2.4496505671203653E-01 a       908     0    38     1    20
  2.5933216962143618E-01 a       909     0    38     1    21
  1.6701805736470762E-01 a       910     0    38     1    22
 -3.7190451397035557E-01 a       911     0    38     1    23
  7.4099912921293321E-01 a       912     0    38     1    24
 -1.8308445376071971E+00 a       913     0    39     1     1
 -9.0793705627691323E-01 a       914     0    39     1     2
 -1.7189366387599954E+00 a       915     0    39     1     3
  3.5550738469621612E-01 a       916     0    39     1     4
 -1.6298110247633033E+00 a       917     0    39     1     5
 -1.7985374162192611E+00 a       918     0    39     1     6
 -1.8197366884545974E+00 a       919     0    39     1     7
  7.8209420100506202E-02 a       920     0    39     1     8
  1.6393387484607456E+00 a       921     0    39     1     9
 -4.0597094848010986E+00 a       922     0    39     1    10
  2.0005391311475931E+00 a       923     0    39     1    11
 -1.6594490837033049E+00 a       924     0    39     1    12
 -1.8575708676629408E+00 a       925     0    39     1    13
  2.8053474516094306E+00 a       926     0    39     1    14
  1.3208052756335027E+00 a       927     0    39     1    15
 -1.5379103239595562E+00 a       928     0    39     1    16
  1.5121564804369412E+00 a       929     0    39     1    17
  2.1068716240884942E+00 a       930     0    39     1    18
  1.6470995763148362E+00 a       931     0    39     1    19
  1.5958985209983326E-01 a       932     0    39     1    20
  4.0360467335843779E+00 a       933     0    39     1    21
 -2.6407114021795614E-01 a       934     0    39     1    22
  1.7215562578992780E+00 a       935     0    39     1    23
  9.4290993238727072E-01 a       936     0    39     1    24
 -7.2281434021297486E-01 a       937     0    40     1     1
  6.9251359300961401E-01 a       938     0    40     1     2
 -6.9920502660877160E-01 a       939     0    40     1     3
 -2.1681678045066928E+00 a       940     0    40     1     4
 -1.3082922402590171E+00 a       941     0    40     1     5
 -2.0469750576175247E+00 a       942     0    40     1     6
  3.2699128127639437E-01 a       943     0    40     1     7
 -1.2447727808483648E+00 a       944     0    40     1     8
  9.1912863815421519E-02 a       945     0    40     1     9
 -3.9857750321019036E+00 a       946     0    40     1    10
  2.7503494562817288E+00 a       947     0    40     1    11
  9.7883498512762601E-01 a       948     0    40     1    12
  1.0644675794944227E+00 a       949     0    40     1    13
  8.7891115387112095E-01 a       950     0    40     1    14
  1.5094492062244644E+00 a       951     0    40     1    15
 -1.1418183121732635E+00 a       952     0    40     1    16
  2.2205022203864067E+00 a       953     0    40     1    17
  8.9635402867042135E-01 a       954     0    40     1    18
 -8.5283443721332541E-01 a       955     0    40     1    19
  4.1421074526919888E-01 a       956     0    40     1    20
 -7.0720320000584577E-02 a       957     0    40     1    21
  2.0885235057376335E+00 a       958     0    40     1    22
 -9.7863990153471414E-01 a       959     0    40     1    23
  2.0529300872106386E+00 a       960     0    40     1    24
 -1.7508454679517873E+00 a       961     0    41     1     1
 -8.5373597541658097E-01 a       962     0    41     1     2
  1.3088648631798058E-01 a       963     0    41     1     3
 -7.3207511349367549E-01 a       964     0    41     1     4
 -8.2473025351890872E-01 a       965     0    41     1     5
  4.9516441776377351E-01 a       966     0    41     1     6
  6.8346925743111478E-02 a       967     0    41     1     7
 -9.2609337343729337E-02 a       968     0    41     1     8
 -4.5168182539422574E-01 a       969     0    41     1     9
 -3.8616080839719275E-01 a       970     0    41     1    10
  1.8776009953415622E+00 a       971     0    41     1    11
 -3.8688860055511637E-01 a       972     0    41     1    12
  3.1638876337251887E-01 a       973     0    41     1    13
 -2.1456838582685148E-01 a       974     0    41     1    14
 -7.3567954007247097E-02 a       975     0    41     1    15
 -2.3428677931795363E+00 a       976     0    41     1    16
  6.7738375651633942E-01 a       977     0    41     1    17
  9.7190534005710116E-01 a       978     0    41     1    18
 -1.0486751334705822E+00 a       979     0    41     1    19
  9.8021417895480481E-02 a       980     0    41     1    20
  1.8223204516490557E+00 a       981     0    41     1    21
 -8.7529792812292229E-01 a       982     0    41     1    22
 -1.6828065443365021E-02 a       983     0    41     1    23
  1.3297549089841310E+00 a       984     0    41     1    24
 -1.6426834397065979E+00 a       985     0    42     1     1
 -8.6486283620960147E-01 a       986     0    42     1     2
 -5.3694697729665686E+00 a       987     0    42     1     3
 -3.6548266601073185E+00 a       988     0    42     1     4
  7.4918642523926982E-01 a       989     0    42     1     5
 -4.2874318661414943E+00 a       990     0    42     1     6
  4.7967845707990753E+00 a       991     0    42     1     7
  1.2228050397888543E+01 a       992     0    42     1     8
 -1.0302515743937894E+00 a       993     0    42     1     9
  7.8544824880757318E+00 a       994     0    42     1    10
 -2.3245534263772392E+00 a       995     0    42     1    11
 -3.6404759431423184E+00 a       996     0    42     1    12
 -9.2593740387810133E+00 a       997     0    42     1    13
  4.4289869133441950E+00 a       998     0    42     1    14
 -3.9969417445332431E+00 a       999     0    42     1    15
  5.9968008400485506E-01 a      1000     0    42     1    16
  6.7426882170155995E+00 a      1001     0    42     1    17
  4.3246147742434848E+00 a      1002     0    42     1    18
 -1.2795549956998782E+00 a      1003     0    42     1    19
  1.9058001902080917E+00 a      1004     0    42     1    20
 -1.0435970062842754E+00 a      1005     0    42     1    21
  5.1732744551511924E+00 a      1006     0    42     1    22
  1.3045805714329344E+00 a      1007     0    42     1    23
 -1.6934133648553353E+00 a      1008     0    42     1    24
  2.2455148018259344E-01 a      1009     0    43     1     1
 -3.1571339950575200E-01 a      1010     0    43     1     2
  2.0669119761185604E-02 a      1011     0    43     1     3
 -9.8979147732277262E-01 a      1012     0    43     1     4
 -2.0186657951995421E-01 a      1013     0    43     1     5
 -3.7501670310844826E-01 a      1014     0    43     1     6
  2.3750283982299189E-01 a      1015     0    43     1     7
  7.8896589879150592E-01 a      1016     0    43     1     8
 -1.9546946473871485E-01 a      1017     0    43     1     9
  1.3866119499441472E+00 a      1018     0    43     1    10
 -1.4287061481562040E+00 a      1019     0    43     1    11
 -6.5522811878278908E-01 a      1020     0    43     1    12
 -1.0183239996901359E+00 a      1021     0    43     1    13
  4.4675884304343161E-01 a      1022     0    43     1    14
  2.2122613530306384E-01 a      1023     0    43     1    15
 -5.1589879999275090E-01 a      1024     0    43     1    16
  3.4364400125598454E-01 a      1025     0    43     1    17
 -4.0329247993452971E-01 a      1026     0    43     1    18
  5.6316472512251067E-02 a      1027     0    43     1    19
  1.0430149164931336E-01 a      1028     0    43     1    20
 -2.0084528097638623E+00 a      1029     0    43     1    21
  1.4260671978563355E+00 a      1030     0    43     1    22
  4.6150037819821993E-01 a      1031     0    43     1    23
  7.8525017095406272E-03 a      1032     0    43     1    24
  1.1050286179213600E+00 a      1033     0    44     1     1
  5.4518200003066095E+00 a      1034     0    44     1     2
  1.3381301935402516E+00 a      1035     0    44     1     3
 -1.2893418397053966E+00 a      1036     0    44     1     4
  7.6764523580935862E+00 a      1037     0    44     1     5
  1.7591156928315119E+00 a      1038     0    44     1     6
  6.5551362136653057E-01 a      1039     0    44     1     7
  1.4874139780377467E+00 a      1040     0    44     1     8
  3.2044632417210128E-01 a      1041     0    44     1     9
  7.8168683827610002E+00 a      1042     0    44     1    10
 -3.6330923683518765E+00 a      1043     0    44     1    11
  4.1955064097452546E+00 a      1044     0    44     1    12
  2.2843388125371247E+00 a      1045     0    44     1    13
 -1.2018300067527337E+00 a      1046     0    44     1    14
 -3.2875216990664766E+00 a      1047     0    44     1    15
  1.6438550002294874E+00 a      1048     0    44     1    16
 -2.6299920447908267E+00 a      1049     0    44     1    17
 -6.7264819211832449E+00 a      1050     0    44     1    18
 -3.9094501449580914E+00 a      1051     0    44     1    19
  2.2607583788443799E+00 a      1052     0    44     1    20
 -8.2930398200435320E+00 a      1053     0    44     1    21
  3.4463780384053333E-01 a      1054     0    44     1    22
 -2.3889410566844388E-01 a      1055     0    44     1    23
  1.1774991189825399E+00 a      1056     0    44     1    24
  7.5613945861281240E-01 a      1057     0    45     1     1
  2.2534963935069782E-01 a      1058     0    45     1     2
  7.8462999049407745E-01 a      1059     0    45     1     3
  2.6527525927221196E-01 a      1060     0    45     1     4
  8.0647901371252251E-01 a      1061     0    45     1     5
  1.5099349394118622E+00 a      1062     0    45     1     6
 -2.9908140301063171E-02 a      1063     0    45     1     7
  9.3754593600908365E-01 a      1064     0    45     1     8
  3.4943888744827400E-01 a      1065     0    45     1     9
  2.7591458720331343E+00 a      1066     0    45     1    10
 -3.4782997237932110E+00 a      1067     0    45     1    11
  1.7905679034257119E-01 a      1068     0    45     1    12
 -1.4300520407567494E+00 a      1069     0    45     1    13
  1.0447405614553708E-01 a      1070     0    45     1    14
  1.0933406450858764E-01 a      1071     0    45     1    15
  5.7868795299324416E-01 a      1072     0    45     1    16
 -7.4568875453974626E-01 a      1073     0    45     1    17
 -1.0844345739846015E+00 a      1074     0    45     1    18
  1.0507041520990548E+00 a      1075     0    45     1    19
  4.9926061640824665E-01 a      1076     0    45     1    20
 -1.3223159683559238E+00 a      1077     0    45     1    21
  8.3454211964032243E-01 a      1078     0    45     1    22
  1.1918951771117396E+00 a      1079     0    45     1    23
 -5.7841986429675118E-01 a      1080     0    45     1    24
  2.5331097273647303E+00 a      1081     0    46     1     1
  2.3007903166469186E+00 a      1082     0    46     1     2
 -6.4289980171043837E-01 a      1083     0    46     1     3
 -6.9238979048657823E-01 a      1084     0    46     1     4
  1.6423325064746972E+00 a      1085     0    46     1     5
 -9.9701574279404459E-01 a      1086     0    46     1     6
 -1.1283073193210933E+00 a      1087     0    46     1     7
 -4.9950448589176459E-02 a      1088     0    46     1     8
  2.2675634056759293E+00 a      1089     0    46     1     9
 -1.7170918318692132E+00 a      1090     0    46     1    10
 -1.9365556478486681E+00 a      1091     0    46     1    11
  7.0587456297790230E-01 a      1092     0    46     1    12
 -6.2980232242913006E-02 a      1093     0    46     1    13
  1.1674984574818188E+00 a      1094     0    46     1    14
  1.9527076717564962E+00 a      1095     0    46     1    15
  4.5012000195599180E+00 a      1096     0    46     1    16
 -3.1057071113908230E-01 a      1097     0    46     1    17
 -2.1353591547793669E+00 a      1098     0    46     1    18
  8.0146671922531265E-01 a      1099     0    46     1    19
  7.0785303066173533E-01 a      1100     0    46     1    20
 -4.0635982368406767E+00 a      1101     0    46     1    21
  3.1787545817972624E+00 a      1102     0    46     1    22
 -9.4281665152812644E-01 a      1103     0    46     1    23
  2.0081116229354690E-01 a      1104     0    46     1    24
 -2.7613968447561756E+00 a      1105     0    47     1     1
  2.9059853170758226E-01 a      1106     0    47     1     2
 -7.6645626426397429E-01 a      1107     0    47     1     3
  1.2821798598158110E+00 a      1108     0    47     1     4
  3.3264081346569769E+00 a      1109     0    47     1     5
  2.0079450578228393E+00 a      1110     0    47     1     6
  3.3334198306139751E-01 a      1111     0    47     1     7
 -1.7535014515473011E+00 a      1112     0    47     1     8
  4.7291257548429542E+00 a      1113     0    47     1     9
 -3.1860217564698701E+00 a      1114     0    47     1    10
  3.9218175875838091E+00 a      1115     0    47     1    11
  5.5569900473334570E+00 a      1116     0    47     1    12
  3.5301869223643410E+00 a      1117     0    47     1    13
 -1.2907922998422690E+00 a      1118     0    47     1    14
  7.7106257562982161E-01 a      1119     0    47     1    15
  2.9826463475905934E-01 a      1120     0    47     1    16
 -1.3084471788304315E+00 a      1121     0    47     1    17
  3.5446218291117393E-01 a      1122     0    47     1    18
 -3.1521894084273017E-01 a      1123     0    47     1    19
  4.5746964465610782E+00 a      1124     0    47     1    20
 -3.5506054854588203E+00 a      1125     0    47     1    21
  2.5135505123997676E-01 a      1126     0    47     1    22
  4.2529239985203471E-01 a      1127     0    47     1    23
 -3.5966303817678225E-01 a      1128     0    47     1    24
 -3.3505183703681989E+00 a      1129     0    48     1     1
 -1.4562638781237813E+00 a      1130     0    48     1     2
 -2.6350183949553170E+00 a      1131     0    48     1     3
 -2.8992797391471470E-01 a      1132     0    48     1     4
 -7.5315966349492924E-01 a      1133     0    48     1     5
  4.3135122947819132E-01 a      1134     0    48     1     6
 -3.7963267392625066E-01 a      1135     0    48     1     7
 -3.2718556805770876E-01 a      1136     0    48     1     8
 -1.8202907695072652E+00 a      1137     0    48     1     9
 -5.1790444997490628E+00 a      1138     0    48     1    10
  4.1610003913515357E+00 a      1139     0    48     1    11
 -4.6873755366266758E+00 a      1140     0    48     1    12
  6.0324223928482974E-02 a      1141     0    48     1    13
  4.1198131002119602E+00 a      1142     0    48     1    14
 -1.5339031274234878E+00 a      1143     0    48     1    15
 -1.4828156321598807E+00 a      1144     0    48     1    16
 -1.1102246311291102E+00 a      1145     0    48     1    17
  3.8323487574055143E-01 a      1146     0    48     1    18
 -9.4002557045710688E-01 a      1147     0    48     1    19
 -1.3533402049189829E+00 a      1148     0    48     1    20
  3.8719844529793708E+00 a      1149     0    48     1    21
 -1.7069249609234638E+00 a      1150     0    48     1    22
 -1.6786582877071778E+00 a      1151     0    48     1    23
  1.4673091710300297E+00 a      1152     0    48     1    24
 -5.7821400861731553E-01 a      1153     0    49     1     1
  1.2216779270204481E-01 a      1154     0    49     1     2
  2.5710548447700332E-01 a      1155     0    49     1     3
 -6.1423344032221872E-01 a      1156     0    49     1     4
  6.5057221249784447E-01 a      1157     0    49     1     5
 -3.9240354109890130E-01 a      1158     0    49     1     6
  5.7709870730714641E-01 a      1159     0    49     1     7
  1.2382572675014674E+00 a      1160     0    49     1     8
  1.0602632287088107E-02 a      1161     0    49     1     9
  1.8453943572902416E+00 a      1162     0    49     1    10
 -3.8993359704214825E-01 a      1163     0    49     1    11
 -1.3937693857744074E-01 a      1164     0    49     1    12
 -1.0810432063685127E+00 a      1165     0    49     1    13
  2.0870323675725441E-01 a      1166     0    49     1    14
 -7.2045422838648099E-01 a      1167     0    49     1    15
  4.6480788250029777E-02 a      1168     0    49     1    16
  4.9359634105675371E-01 a      1169     0    49     1    17
  1.9797546764506110E-02 a      1170     0    49     1    18
 -9.8443150689116257E-03 a      1171     0    49     1    19
  4.6327343193239369E-02 a      1172     0    49     1    20
  6.9877246848736085E-01 a      1173     0    49     1    21
  9.9249983644268269E-01 a      1174     0    49     1    22
  2.3111724087746799E-01 a      1175     0    49     1    23
 -2.5236176314665404E-01 a      1176     0    49     1    24
 -1.1018238239488994E-01 a      1177     0    50     1     1
 -6.7133467615786854E-02 a      1178     0    50     1     2
  5.6753572752290558E-02 a      1179     0    50     1     3
 -5.3450880318553229E-01 a      1180     0    50     1     4
 -6.5163829292890399E-02 a      1181     0    50     1     5
 -2.1832296266633675E-02 a      1182     0    50     1     6
  2.1682498955129156E-01 a      1183     0    50     1     7
  3.1156940551624940E-01 a      1184     0    50     1     8
  4.5340382882860526E-02 a      1185     0    50     1     9
  6.3122625879719196E-01 a      1186     0    50     1    10
 -4.0678038671103406E-01 a      1187     0    50     1    11
 -2.0745424098878334E-02 a      1188     0    50     1    12
 -4.2938652630294433E-01 a      1189     0    50     1    13
  1.5570720045695272E-01 a      1190     0    50     1    14
 -2.0415104523309618E-02 a      1191     0    50     1    15
 -2.0211354551243343E-01 a      1192     0    50     1    16
  8.1473236021858228E-02 a      1193     0    50     1    17
  2.4809995246911698E-01 a      1194     0    50     1    18
 -1.7312680842749614E-02 a      1195     0    50     1    19
 -5.9208156248454304E-02 a      1196     0    50     1    20
 -1.6101747342526579E-01 a      1197     0    50     1    21
  2.8244362570801795E-01 a      1198     0    50     1    22
  1.3930672654204501E-01 a      1199     0    50     1    23
 -2.9610240131838681E-03 a      1200     0    50     1    24
 -3.6628635016553801E-01 a      1201     0    51     1     1
 -8.8428605218900014E-01 a      1202     0    51     1     2
  4.8111649106475829E-01 a      1203     0    51     1     3
 -4.3793807619247033E-01 a      1204     0    51     1     4
  1.3631904458893090E-01 a      1205     0    51     1     5
  7.3258491104098111E-01 a      1206     0    51     1     6
  8.4407479806494023E-01 a      1207     0    51     1     7
  5.7914286792213427E-03 a      1208     0    51     1     8
 -2.4063157270800350E-01 a      1209     0    51     1     9
  1.2747984264836760E+00 a      1210     0    51     1    10
 -4.3815913364423170E-02 a      1211     0    51     1    11
 -4.3724246728863442E-01 a      1212     0    51     1    12
 -5.3597836449994873E-01 a      1213     0    51     1    13
 -1.8161516132219221E-01 a      1214     0    51     1    14
 -3.7509897087933786E-01 a      1215     0    51     1    15
 -8.3380983450500185E-02 a      1216     0    51     1    16
  6.8877397479134139E-01 a      1217     0    51     1    17
 -1.0811526127017115E-01 a      1218     0    51     1    18
 -3.8604385579896322E-01 a      1219     0    51     1    19
 -2.4025791997038778E-01 a      1220     0    51     1    20
 -2.3922711605083102E-01 a      1221     0    51     1    21
  7.5793620259063899E-01 a      1222     0    51     1    22
 -3.1398044319820434E-02 a      1223     0    51     1    23
 -1.4784158356295901E-01 a      1224     0    51     1    24
  8.9083066634827590E-01 a      1225     0    52     1     1
 -2.1901680449086772E-01 a      1226     0    52     1     2
  8.4882420342235598E-01 a      1227     0    52     1     3
 -7.8538045754365848E-01 a      1228     0    52     1     4
  2.8452409211887347E-01 a      1229     0    52     1     5
  3.9044731960909951E-01 a      1230     0    52     1     6
 -9.6761526531114056E-02 a      1231     0    52     1     7
 -1.0690243069562917E+00 a      1232     0    52     1     8
  5.6553956832662367E-01 a      1233     0    52     1     9
  1.5298083464101762E+00 a      1234     0    52     1    10
 -9.4081660247972643E-01 a      1235     0    52     1    11
  1.2532070798044346E+00 a      1236     0    52     1    12
  6.5776607140928867E-01 a      1237     0    52     1    13
 -1.5435292937889034E+00 a      1238     0    52     1    14
 -2.8959475251794164E-01 a      1239     0    52     1    15
  4.5815429981961203E-01 a      1240     0    52     1    16
  4.1728823368888934E-01 a      1241     0    52     1    17
  1.4418624568901800E-01 a      1242     0    52     1    18
  1.0157761807026253E+00 a      1243     0    52     1    19
  9.0246128567214889E-01 a      1244     0    52     1    20
 -2.5416362737562479E+00 a      1245     0    52     1    21
  6.2466667485579719E-02 a      1246     0    52     1    22
  1.6556043348510766E-01 a      1247     0    52     1    23
 -8.0060407560579794E-01 a      1248     0    52     1    24
  1.9252021638758801E+00 a      1249     0    53     1     1
  1.4898719567343628E+00 a      1250     0    53     1     2
  1.3116358289498733E+00 a      1251     0    53     1     3
  1.6256763993697587E+00 a      1252     0    53     1     4
 -7.7480214792172808E-01 a      1253     0    53     1     5
  1.6741796039547234E+00 a      1254     0    53     1     6
 -2.3895131418091822E+00 a      1255     0    53     1     7
 -4.8474040607713631E+00 a      1256     0    53     1     8
  8.9291345338014261E-01 a      1257     0    53     1     9
 -4.3876365373287021E+00 a      1258     0    53     1    10
  1.0335097060850520E+00 a      1259     0    53     1    11
  4.1273421420109663E-01 a      1260     0    53     1    12
  3.7005463092009845E+00 a      1261     0    53     1    13
 -1.3708220492931480E+00 a      1262     0    53     1    14
  2.2056623645919449E+00 a      1263     0    53     1    15
 -5.8438097262454802E-01 a      1264     0    53     1    16
 -3.2566388003613187E+00 a      1265     0    53     1    17
 -2.5026845527961639E+00 a      1266     0    53     1    18
  1.4255314541265725E+00 a      1267     0    53     1    19
 -1.2882199431952068E+00 a      1268     0    53     1    20
 -2.8890178095744012E-01 a      1269     0    53     1    21
 -1.1514309354995320E+00 a      1270     0    53     1    22
 -8.4884372231200378E-01 a      1271     0    53     1    23
  3.6272261869707451E-01 a      1272     0    53     1    24
  1.4432645591842197E-01 a      1273     0    54     1     1
  1.3227071797477781E+00 a      1274     0    54     1     2
 -1.5595938274104157E+00 a      1275     0    54     1     3
  2.6147119811352176E-01 a      1276     0    54     1     4
 -4.2481166814485034E+00 a      1277     0    54     1     5
 -9.0979228384970245E-01 a      1278     0    54     1     6
 -2.3544403327541037E+00 a      1279     0    54     1     7
  1.1181617339153349E+00 a      1280     0    54     1     8
  5.4578464005210059E-01 a      1281     0    54     1     9
 -2.4661852873137686E+00 a      1282     0    54     1    10
 -1.0835600288095277E+00 a      1283     0    54     1    11
  6.2347113373889151E-01 a      1284     0    54     1    12
 -1.6057351715986730E+00 a      1285     0    54     1    13
  3.1199084740215346E+00 a      1286     0    54     1    14
  2.2757253829561748E+00 a      1287     0    54     1    15
 -1.3524289382404988E+00 a      1288     0    54     1    16
 -2.1567095547612420E+00 a      1289     0    54     1    17
  2.5530432921871027E+00 a      1290     0    54     1    18
  1.3389419771697708E+00 a      1291     0    54     1    19
  5.4172120622220932E-01 a      1292     0    54     1    20
  2.6247216706777756E+00 a      1293     0    54     1    21
 -1.0209566005538437E+00 a      1294     0    54     1    22
  1.9490472705712070E-01 a      1295     0    54     1    23
 -7.4943992517480895E-01 a      1296     0    54     1    24
 -1.8829977888852174E+00 a      1297     0    55     1     1
 -4.0812220317783038E-01 a      1298     0    55     1     2
  3.1874523525661863E-01 a      1299     0    55     1     3
  1.0281366351665736E-01 a      1300     0    55     1     4
 -6.9049062088359925E-02 a      1301     0    55     1     5
  1.8703506949371305E+00 a      1302     0    55     1     6
  1.5427295414374473E+00 a      1303     0    55     1     7
  1.6762132588724625E+00 a      1304     0    55     1     8
 -6.3742880647560285E-01 a      1305     0    55     1     9
 -1.8050530920867682E+00 a      1306     0    55     1    10
  1.6346962655504813E+00 a      1307     0    55     1    11
  4.0174655489242683E+00 a      1308     0    55     1    12
 -5.8325669741576280E-01 a      1309     0    55     1    13
  1.3810975555309015E+00 a      1310     0    55     1    14
 -8.1142404166042992E-01 a      1311     0    55     1    15
 -5.2899221694997207E+00 a      1312     0    55     1    16
 -1.7644208429879076E+00 a      1313     0    55     1    17
  9.2575458853003445E-01 a      1314     0    55     1    18
 -8.2460668387288139E-01 a      1315     0    55     1    19
  4.5798827821965066E-01 a      1316     0    55     1    20
  2.0792154519864048E+00 a      1317     0    55     1    21
 -1.6235626288021898E+00 a      1318     0    55     1    22
  1.2471771235316294E+00 a      1319     0    55     1    23
  2.7373025580573995E-01 a      1320     0    55     1    24
  3.0940188674733293E-01 a      1321     0    56     1     1
  4.5835471922934072E+00 a      1322     0    56     1     2
  7.8435703910043086E-01 a      1323     0    56     1     3
  2.0961636265437953E+00 a      1324     0    56     1     4
 -1.5634373093701530E+00 a      1325     0    56     1     5
 -1.9023031935035533E+00 a      1326     0    56     1     6
  2.6558813495528719E-02 a      1327     0    56     1     7
  6.0175234329030607E+00 a      1328     0    56     1     8
 -2.0340905301666719E+00 a      1329     0    56     1     9
  5.0484498176950492E+00 a      1330     0    56     1    10
 -3.7353559398277651E+00 a      1331     0    56     1    11
  2.9799462753478313E-02 a      1332     0    56     1    12
 -2.3091639227858982E+00 a      1333     0    56     1    13
  1.2203416357257111E+00 a      1334     0    56     1    14
 -1.8523360848399034E-01 a      1335     0    56     1    15
  5.5453782952007702E-01 a      1336     0    56     1    16
  1.4842876457876351E+00 a      1337     0    56     1    17
 -8.4182081256792918E-01 a      1338     0    56     1    18
 -9.7640819893629993E-01 a      1339     0    56     1    19
 -9.1151823610142313E-01 a      1340     0    56     1    20
  5.5748626691464391E+00 a      1341     0    56     1    21
 -7.0666038145929622E-01 a      1342     0    56     1    22
  8.2238337171586318E-01 a      1343     0    56     1    23
  7.3688686991491781E-01 a      1344     0    56     1    24
  1.0825546146488172E+00 a      1345     0    57     1     1
  1.5002806960797399E+00 a      1346     0    57     1     2
 -2.4390201227148163E+00 a      1347     0    57     1     3
 -9.0732021345220404E-01 a      1348     0    57     1     4
 -2.3163401885972243E+00 a      1349     0    57     1     5
 -6.0311467776797822E-01 a      1350     0    57     1     6
 -9.9956876402827088E-01 a      1351     0    57     1     7
  2.5471250711895541E+00 a      1352     0    57     1     8
  7.8673236605744734E-01 a      1353     0    57     1     9
  1.9172579895050323E+00 a      1354     0    57     1    10
 -2.0475020986974890E-01 a      1355     0    57     1    11
 -3.9762509904427112E+00 a      1356     0    57     1    12
 -2.1504282388236651E+00 a      1357     0    57     1    13
  1.9801273585747767E+00 a      1358     0    57     1    14
  5.3276865436954390E-01 a      1359     0    57     1    15
  1.7603806623623004E+00 a      1360     0    57     1    16
 -5.2570966328597313E-01 a      1361     0    57     1    17
 -4.7489283962118972E-01 a      1362     0    57     1    18
 -2.9349711760492725E-01 a      1363     0    57     1    19
  7.9333305638018514E-01 a      1364     0    57     1    20
 -7.5376151338085584E-01 a      1365     0    57     1    21
 -4.8674891580588009E-01 a      1366     0    57     1    22
 -1.9190871704946704E+00 a      1367     0    57     1    23
 -3.2115513271821211E-01 a      1368     0    57     1    24
  1.2071359856638462E+00 a      1369     0    58     1     1
  1.9829096490993177E+00 a      1370     0    58     1     2
 -1.4961999695088196E-01 a      1371     0    58     1     3
 -3.9416072556928017E-01 a      1372     0    58     1     4
 -9.8841801854322853E-01 a      1373     0    58     1     5
 -1.1270617677873618E-01 a      1374     0    58     1     6
  2.0144503967996530E-01 a      1375     0    58     1     7
  3.4173046042543892E-01 a      1376     0    58     1     8
 -1.5495712177929371E+00 a      1377     0    58     1     9
  3.1002127715418454E-01 a      1378     0    58     1    10
 -2.0523326421561516E+00 a      1379     0    58     1    11
  2.9891569262566255E+00 a      1380     0    58     1    12
  2.6191848103684956E+00 a      1381     0    58     1    13
 -8.0163859071456101E-01 a      1382     0    58     1    14
  5.9103275026656410E-01 a      1383     0    58     1    15
  9.9027838574721735E-02 a      1384     0    58     1    16
 -1.4328379948629477E+00 a      1385     0    58     1    17
  6.1988029885158324E-01 a      1386     0    58     1    18
 -5.9260744780674479E-01 a      1387     0    58     1    19
  7.6036388535597110E-01 a      1388     0    58     1    20
 -2.6268996507768345E+00 a      1389     0    58     1    21
 -4.5278800514783329E-01 a      1390     0    58     1    22
 -1.4178756941997288E+00 a      1391     0    58     1    23
  8.4648978937029135E-02 a      1392     0    58     1    24
  1.3480890162211854E+00 a      1393     0    59     1     1
  2.7018644460222796E+00 a      1394     0    59     1     2
  2.1862212467676794E+00 a      1395     0    59     1     3
  1.3958258532539563E+00 a      1396     0    59     1     4
 -4.9492254886413206E-01 a      1397     0    59     1     5
 -1.7349558835811369E+00 a      1398     0    59     1     6
  1.3816144232317711E+00 a      1399     0    59     1     7
  3.6522870806518690E+00 a      1400     0    59     1     8
  1.0023126678911426E-01 a      1401     0    59     1     9
  5.6879536439051934E+00 a      1402     0    59     1    10
 -3.6082023612883170E+00 a      1403     0    59     1    11
  2.5918843176610507E+00 a      1404     0    59     1    12
 -1.4435589350449409E+00 a      1405     0    59     1    13
 -2.8003818129363163E+00 a      1406     0    59     1    14
  2.3347033421219563E+00 a      1407     0    59     1    15
  2.0631075973419152E-01 a      1408     0    59     1    16
  2.7750748831312855E+00 a      1409     0    59     1    17
 -1.7059336394720448E+00 a      1410     0    59     1    18
 -8.1446872035004547E-01 a      1411     0    59     1    19
  7.3314869665969651E-01 a      1412     0    59     1    20
  1.1474996270517612E+00 a      1413     0    59     1    21
  2.5097728489205857E+00 a      1414     0    59     1    22
  1.3948825225993997E+00 a      1415     0    59     1    23
 -3.7031178326475961E-01 a      1416     0    59     1    24
 -1.4586602411064340E+00 a      1417     0    60     1     1
 -1.1924192232391471E+00 a      1418     0    60     1     2
  3.9219793754358134E+00 a      1419     0    60     1     3
 -2.3078222655500035E-02 a      1420     0    60     1     4
  9.8675377434389222E-01 a      1421     0    60     1     5
  1.7344459435102118E+00 a      1422     0    60     1     6
 -4.5155845616057672E-01 a      1423     0    60     1     7
 -3.4665794107937535E+00 a      1424     0    60     1     8
 -5.0436582917904893E-01 a      1425     0    60     1     9
 -5.4560434088343407E-02 a      1426     0    60     1    10
  2.4116008801673586E-02 a      1427     0    60     1    11
  2.2597482492455598E+00 a      1428     0    60     1    12
  1.9426407529275473E+00 a      1429     0    60     1    13
 -1.9423273515603805E+00 a      1430     0    60     1    14
  3.8529289272404961E-02 a      1431     0    60     1    15
 -6.8362230276438207E-01 a      1432     0    60     1    16
 -9.4911761234896552E-01 a      1433     0    60     1    17
 -3.8855847087695783E-01 a      1434     0    60     1    18
 -7.6663894245945208E-01 a      1435     0    60     1    19
  2.0928977318093056E-01 a      1436     0    60     1    20
  1.3157249234170130E+00 a      1437     0    60     1    21
 -2.5013753318271079E+00 a      1438     0    60     1    22
  4.5186619327856353E-01 a      1439     0    60     1    23
  1.6298128967267407E+00 a      1440     0    60     1    24
 -1.2533289023393582E-01 a      1441     0    61     1     1
  3.8607802478169267E-01 a      1442     0    61     1     2
  1.4800239533918877E-01 a      1443     0    61     1     3
  1.1512984203711023E-01 a      1444     0    61     1     4
  3.0843714353089113E-01 a      1445     0    61     1     5
  5.0014558579072244E-01 a      1446     0    61     1     6
 -5.9568483415769180E-01 a      1447     0    61     1     7
 -2.2240506177797831E-01 a      1448     0    61     1     8
  1.9944860346072055E-01 a      1449     0    61     1     9
  3.4679443731867865E-01 a      1450     0    61     1    10
  8.2766012771113492E-02 a      1451     0    61     1    11
  5.4732181002751223E-01 a      1452     0    61     1    12
  1.5163991728579843E-01 a      1453     0    61     1    13
 -4.1020498281173601E-01 a      1454     0    61     1    14
 -5.1380931674619867E-01 a      1455     0    61     1    15
 -1.1736572451556362E-02 a      1456     0    61     1    16
 -3.9144513380142631E-01 a      1457     0    61     1    17
  7.9627334052336451E-01 a      1458     0    61     1    18
  3.1038595343780362E-01 a      1459     0    61     1    19
 -1.6934712631390178E-01 a      1460     0    61     1    20
  1.6514870878269627E+00 a      1461     0    61     1    21
 -1.6134933818993649E+00 a      1462     0    61     1    22
 -8.3617711282020682E-02 a      1463     0    61     1    23
  2.0200840628014932E-01 a      1464     0    61     1    24
 -5.7042238187508176E-01 a      1465     0    62     1     1
 -6.5871683559133594E+00 a      1466     0    62     1     2
  1.6501269608442666E+00 a      1467     0    62     1     3
  8.9560962388165799E-01 a      1468     0    62     1     4
 -8.7527679950620652E-01 a      1469     0    62     1     5
  8.5567018733956945E-01 a      1470     0    62     1     6
  2.2861435239927630E+00 a      1471     0    62     1     7
 -3.3682247403006609E+00 a      1472     0    62     1     8
 -4.5184001746383334E-01 a      1473     0    62     1     9
 -4.0112025378033360E+00 a      1474     0    62     1    10
  5.0745316206138744E+00 a      1475     0    62     1    11
 -4.6162136787189478E+00 a      1476     0    62     1    12
 -1.0489768028257003E+00 a      1477     0    62     1    13
 -3.0362768082081586E+00 a      1478     0    62     1    14
 -6.2639585222925465E-01 a      1479     0    62     1    15
  1.3156920331669861E+00 a      1480     0    62     1    16
  5.1157102817346223E+00 a      1481     0    62     1    17
  1.8303104415472136E+00 a      1482     0    62     1    18
  1.9960825282159855E+00 a      1483     0    62     1    19
 -3.3202544872543607E+00 a      1484     0    62     1    20
  4.5242432743685175E+00 a      1485     0    62     1    21
  1.4977303091253096E+00 a      1486     0    62     1    22
  2.1053888674240753E-01 a      1487     0    62     1    23
  5.0514100519637661E-01 a      1488     0    62     1    24
  3.1225702445466399E+00 a      1489     0    63     1     1
 -5.2969179286751409E+00 a      1490     0    63     1     2
 -7.4469262726251384E-01 a      1491     0    63     1     3
 -4.9400276435058181E+00 a      1492     0    63     1     4
 -1.6424095616355461E+00 a      1493     0    63     1     5
  7.9171950878038311E-01 a      1494     0    63     1     6
 -1.9109237031102708E+00 a      1495     0    63     1     7
 -6.2844401624168436E+00 a      1496     0    63     1     8
 -1.8496095564682720E+00 a      1497     0    63     1     9
 -5.0830309834603877E+00 a      1498     0    63     1    10
  5.9501778661939442E-01 a      1499     0    63     1    11
 -4.7942175958625954E+00 a      1500     0    63     1    12
 -5.4062536858287802E-01 a      1501     0    63     1    13
  1.2167842508802611E+00 a      1502     0    63     1    14
 -1.1256350542865652E+00 a      1503     0    63     1    15
 -2.9037945733554965E-01 a      1504     0    63     1    16
 -1.8498981212676202E+00 a      1505     0    63     1    17
  1.4050469612551910E+00 a      1506     0    63     1    18
  1.8309827703460295E+00 a      1507     0    63     1    19
 -3.1646001407987061E+00 a      1508     0    63     1    20
 -4.6558224603035265E+00 a      1509     0    63     1    21
 -7.3131989286921628E-01 a      1510     0    63     1    22
 -1.2914698989655811E+00 a      1511     0    63     1    23
  4.1388314422678940E-01 a      1512     0    63     1    24
  2.8412538370827856E-01 a      1513     0    64     1     1
  2.2632729017753819E-01 a      1514     0    64     1     2
  3.1288017221649306E-01 a      1515     0    64     1     3
  3.5259658128209015E-01 a      1516     0    64     1     4
 -1.2739636184297001E+00 a      1517     0    64     1     5
 -4.3567816824410699E-01 a      1518     0    64     1     6
 -1.2359906403434866E+00 a      1519     0    64     1     7
 -1.7547448016762992E+00 a      1520     0    64     1     8
 -4.5844713092204648E-01 a      1521     0    64     1     9
  4.2342650658268495E+00 a      1522     0    64     1    10
 -1.6783318784387617E+00 a      1523     0    64     1    11
 -3.7938747814246141E+00 a      1524     0    64     1    12
  2.8501415630471812E-02 a      1525     0    64     1    13
 -1.2667680803143706E+00 a      1526     0    64     1    14
 -2.3804624056934900E-01 a      1527     0    64     1    15
  2.2042614661347066E+00 a      1528     0    64     1    16
  8.6262746590466399E-01 a      1529     0    64     1    17
 -5.2428604560045233E-01 a      1530     0    64     1    18
  7.1437628537293507E-01 a      1531     0    64     1    19
 -3.1595941573765529E-01 a      1532     0    64     1    20
  6.4269352324960849E-01 a      1533     0    64     1    21
 -3.5089682744903589E-01 a      1534     0    64     1    22
 -3.1935048656735715E-01 a      1535     0    64     1    23
 -9.7569151245163555E-01 a      1536     0    64     1    24
 -4.2858281575864693E-03 b      1537     1     1
  4.7561840134992921E-02 b      1538     1     2
 -3.3476953583388779E-02 b      1539     1     3
 -3.4007613866694500E-02 b      1540     1     4
  1.6914621009363879E-02 b      1541     1     5
 -1.0334676553730040E-02 b      1542     1     6
 -1.9759834759678473E-02 b      1543     1     7
  9.5990781511104892E-02 b      1544     1     8
 -5.2855488648260680E-02 b      1545     1     9
  5.5902606340300691E-02 b      1546     1    10
 -2.2763588212826424E-02 b      1547     1    11
  7.4546099428552975E-02 b      1548     1    12
  5.4161939254580953E-02 b      1549     1    13
 -1.3673073487263879E-02 b      1550     1    14
 -7.8067236766549090E-03 b      1551     1    15
  1.0349612836747931E-02 b      1552     1    16
  3.7047747199719552E-02 b      1553     1    17
 -5.6766870177083810E-02 b      1554     1    18
 -2.4333364710640404E-02 b      1555     1    19
  8.1384588381002113E-02 b      1556     1    20
 -3.1072138395566384E-02 b      1557     1    21
 -4.6367717676454772E-03 b      1558     1    22
  6.5804909018535723E-03 b      1559     1    23
 -1.0789987932508332E-02 b      1560     1    24
  1.0016668950552812E+00 a      1561     1     1     2     1
  6.6718760321376080E-01 a      1562     1     1     2     2
 -7.6651573752750823E-01 a      1563     1     1     2     3
 -9.9365726262767584E-01 a      1564     1     1     2     4
 -3.6136508290551844E-01 a      1565     1     1     2     5
  4.8136659386156293E-02 a      1566     1     1     2     6
  3.0479457121910336E-01 a      1567     1     1     2     7
 -6.4826039309484529E-01 a      1568     1     1     2     8
 -4.2215242098496397E-01 a      1569     1     1     2     9
 -4.3159934109357700E-01 a      1570     1     1     2    10
 -4.6204636228417695E-02 a      1571     1     1     2    11
 -1.5582496055097010E+00 a      1572     1     1     2    12
  2.5808842681639549E-01 a      1573     1     1     2    13
  8.8162603765417114E-01 a      1574     1     1     2    14
  6.5099410516644562E-01 a      1575     1     1     2    15
  1.2087575165695533E-01 a      1576     1     1     2    16
 -7.6034443328980086E-02 a      1577     1     1     2    17
  3.9080037271641455E-01 a      1578     1     1     2    18
 -2.4337196590401136E-02 a      1579     1     1     2    19
  1.0069570159315973E-01 a      1580     1     1     2    20
  2.2733667283537443E-01 a      1581     1     1     2    21
  4.7571740811676799E-01 a      1582     1     1     2    22
  4.2106049330237805E-01 a      1583     1     1     2    23
  7.1610493399373887E-01 a      1584     1     1     2    24
 -5.8970411887588892E-01 a      1585     1     2     2     1
  4.1397342267197818E-01 a      1586     1     2     2     2
 -1.7936668334401051E-01 a      1587     1     2     2     3
 -4.6321385994770270E-01 a      1588     1     2     2     4
 -4.5791463373089487E-02 a      1589     1     2     2     5
  5.5471982583278479E-01 a      1590     1     2     2     6
 -1.9547717736072090E-01 a      1591     1     2     2     7
  2.5956665848413824E-01 a      1592     1     2     2     8
  2.8297242819760066E-01 a      1593     1     2     2     9
 -3.8231329328695002E-01 a      1594     1     2     2    10
  4.8029455125602050E-01 a      1595     1     2     2    11
 -9.0703627681116905E-01 a      1596     1     2     2    12
 -1.8012817689791066E-01 a      1597     1     2     2    13
  1.0771370402461855E+00 a      1598     1     2     2    14
 -6.5399271194198616E-01 a      1599     1     2     2    15
  3.5163690270569570E-01 a      1600     1     2     2    16
  3.6022555631881570E-01 a      1601     1     2     2    17
 -6.4461693582309609E-01 a      1602     1     2     2    18
 -4.7231150005906025E-01 a      1603     1     2     2    19
 -4.2054331744523255E-01 a      1604     1     2     2    20
 -1.1507361171126464E-02 a      1605     1     2     2    21
  1.3744538670482573E-01 a      1606     1     2     2    22
  3.6663688059584608E-02 a      1607     1     2     2    23
 -1.3769151853370709E-02 a      1608     1     2     2    24
  3.2154281668113245E-03 a      1609     1     3     2     1
  3.5789350491822791E-01 a      1610     1     3     2     2
 -1.9514034499688482E-01 a      1611     1     3     2     3
  2.5829927316860146E-01 a      1612     1     3     2     4
 -2.0046845921561410E-01 a      1613     1     3     2     5
 -5.2748510727593667E-01 a      1614     1     3     2     6
  6.3454422764897489E-02 a      1615     1     3     2     7
 -7.2636042057617389E-01 a      1616     1     3     2     8
 -5.5794424439720558E-01 a      1617     1     3     2     9
  4.8831380535852276E-01 a      1618     1     3     2    10
  4.9561483978895476E-01 a      1619     1     3     2    11
 -6.4828552609846024E-01 a      1620     1     3     2    12
 -1.5947464452745017E-01 a      1621     1     3     2    13
  3.2265845135311394E-01 a      1622     1     3     2    14
  9.2052333426650382E-02 a      1623     1     3     2    15
  5.8567163550314350E-01 a      1624     1     3     2    16
 -7.1368052854360842E-01 a      1625     1     3     2    17
  2.3263949824288383E-02 a      1626     1     3     2    18
  8.0477744195594592E-01 a      1627     1     3     2    19
