################################################################################
# Neural network connection values (weights and biases).
################################################################################
# Col  Name       Description
################################################################################
# 1    connection Neural network connection value.
# 2    t          Connection type (a = weight, b = bias).
# 3    index      Index enumerating weights.
# 4    l_s        Starting point layer (end point layer for biases).
# 5    n_s        Starting point neuron in starting layer (end point neuron for biases).
# 6    l_e        End point layer.
# 7    n_e        End point neuron in end layer.
################################################################################
#                      1 2         3     4     5     6     7
#             connection t     index   l_s   n_s   l_e   n_e
############################################################
  3.6565756109901844E+00 a         1     0     1     1     1
 -1.1051026573582353E+01 a         2     0     1     1     2
  1.1306982223311204E+01 a         3     0     1     1     3
  1.0546391742171751E+01 a         4     0     1     1     4
 -1.0456970331063383E+01 a         5     0     1     1     5
  1.0233166479108655E+00 a         6     0     1     1     6
  1.3450391046049180E+01 a         7     0     1     1     7
  6.4216369015892703E+00 a         8     0     1     1     8
  9.4360743424263518E+00 a         9     0     1     1     9
 -1.6555287709055339E+01 a        10     0     1     1    10
 -8.9425634615172065E+00 a        11     0     1     1    11
 -3.6216322811420043E+00 a        12     0     1     1    12
 -7.0976663153063617E+00 a        13     0     1     1    13
  7.8244427761879702E+00 a        14     0     1     1    14
 -1.2912597068878726E+00 a        15     0     1     1    15
 -9.9831434410061792E+00 a        16     0     1     1    16
  4.9267096856278032E+00 a        17     0     1     1    17
 -1.2005801171301981E+01 a        18     0     1     1    18
 -9.3552540785987848E+00 a        19     0     1     1    19
  1.0267677148901923E+01 a        20     0     1     1    20
 -3.0445570402309539E+00 a        21     0     1     1    21
  3.4413484836622166E+00 a        22     0     1     1    22
  7.6907816627708403E-01 a        23     0     1     1    23
  3.6083188825078634E+00 a        24     0     1     1    24
  2.8746239326240219E-01 a        25     0     2     1     1
  6.5458723190268229E+00 a        26     0     2     1     2
 -3.4974996270691427E+00 a        27     0     2     1     3
 -4.6067813583320829E+00 a        28     0     2     1     4
  3.3706163481966587E+00 a        29     0     2     1     5
 -2.6192005677017498E+00 a        30     0     2     1     6
 -5.5051401304552723E+00 a        31     0     2     1     7
 -6.6914455524541552E+00 a        32     0     2     1     8
 -2.3466718582106889E+00 a        33     0     2     1     9
  1.2057820723576910E+01 a        34     0     2     1    10
  4.0018584201254654E+00 a        35     0     2     1    11
 -3.0820093363436390E-01 a        36     0     2     1    12
  1.6606283113167231E+00 a        37     0     2     1    13
 -3.7362371243828867E+00 a        38     0     2     1    14
  2.4110304758654459E+00 a        39     0     2     1    15
  3.2354409026420488E+00 a        40     0     2     1    16
 -5.5918277570136725E+00 a        41     0     2     1    17
  7.8927815914185189E+00 a        42     0     2     1    18
 -2.5810319101593313E+00 a        43     0     2     1    19
 -3.3065704887313108E+00 a        44     0     2     1    20
  1.8771310848816591E+00 a        45     0     2     1    21
 -3.4559196823622305E+00 a        46     0     2     1    22
 -1.6867522909297089E-01 a        47     0     2     1    23
 -1.3486762523227798E+00 a        48     0     2     1    24
 -5.5936831142659582E-01 a        49     0     3     1     1
  1.1390703029806988E+00 a        50     0     3     1     2
 -9.5032708812407762E-01 a        51     0     3     1     3
 -1.0929694903027580E+00 a        52     0     3     1     4
  1.4472149835354271E+00 a        53     0     3     1     5
 -9.8999209090434781E-01 a        54     0     3     1     6
 -3.1984668601939701E+00 a        55     0     3     1     7
 -3.4578189677461890E+00 a        56     0     3     1     8
  6.9463267591291877E-01 a        57     0     3     1     9
  5.0262594783840004E+00 a        58     0     3     1    10
  3.5633139740067388E-01 a        59     0     3     1    11
 -5.7030911288292052E-01 a        60     0     3     1    12
 -1.3598201656145353E-01 a        61     0     3     1    13
 -1.5446598621284817E+00 a        62     0     3     1    14
  8.1479288057653310E-01 a        63     0     3     1    15
  4.4868455550012826E-01 a        64     0     3     1    16
 -3.2064896449777915E+00 a        65     0     3     1    17
  3.5583165740309730E+00 a        66     0     3     1    18
 -2.0649985724283924E+00 a        67     0     3     1    19
 -1.5141540387325478E+00 a        68     0     3     1    20
  1.5029383586494611E+00 a        69     0     3     1    21
 -2.7428170309899396E+00 a        70     0     3     1    22
 -9.2699766799844152E-01 a        71     0     3     1    23
  7.2667590070077925E-01 a        72     0     3     1    24
  2.1320270346000942E+00 a        73     0     4     1     1
 -6.3945634258198814E-01 a        74     0     4     1     2
 -2.7953828104436438E+00 a        75     0     4     1     3
 -2.3778609237035613E+00 a        76     0     4     1     4
 -2.9262713922787040E+00 a        77     0     4     1     5
  3.7008148201501974E+00 a        78     0     4     1     6
  3.5189959606193213E+00 a        79     0     4     1     7
 -2.4013915909948684E+00 a        80     0     4     1     8
  8.5641285326673833E-01 a        81     0     4     1     9
 -4.0360765237159679E-01 a        82     0     4     1    10
 -6.1876225096272941E-01 a        83     0     4     1    11
  2.5497558047557440E+00 a        84     0     4     1    12
  2.2236287973624029E+00 a        85     0     4     1    13
  4.6893600093027290E+00 a        86     0     4     1    14
 -1.3885938997699938E+00 a        87     0     4     1    15
 -4.3065285228867839E-01 a        88     0     4     1    16
 -3.6262606762339331E+00 a        89     0     4     1    17
 -1.9059360406499313E+00 a        90     0     4     1    18
 -4.6872161848668920E-01 a        91     0     4     1    19
  3.4872564021091494E+00 a        92     0     4     1    20
 -3.2314165663386438E+00 a        93     0     4     1    21
  5.4651901097159108E+00 a        94     0     4     1    22
  1.6254576766626969E+00 a        95     0     4     1    23
  4.7932311266916408E+00 a        96     0     4     1    24
 -1.6550408206727991E+00 a        97     0     5     1     1
 -1.1320880205205788E+00 a        98     0     5     1     2
  6.0871769742198700E-01 a        99     0     5     1     3
  2.9546480050037877E-01 a       100     0     5     1     4
 -2.5960343978338313E-01 a       101     0     5     1     5
  1.1697023664306923E+00 a       102     0     5     1     6
  1.7281005729753451E+00 a       103     0     5     1     7
  1.5236045967714196E+00 a       104     0     5     1     8
 -3.5252762553708278E-01 a       105     0     5     1     9
 -2.8886397821193102E+00 a       106     0     5     1    10
 -9.2059565255322817E-01 a       107     0     5     1    11
  1.0495219374329551E-01 a       108     0     5     1    12
 -4.0924397828233694E-01 a       109     0     5     1    13
  1.1718092203431341E+00 a       110     0     5     1    14
 -9.8982787269763162E-01 a       111     0     5     1    15
 -8.0818813683579360E-01 a       112     0     5     1    16
  5.5768779001243673E-01 a       113     0     5     1    17
 -1.8474217334046183E+00 a       114     0     5     1    18
 -8.6864245070935056E-02 a       115     0     5     1    19
  7.9144597957553142E-01 a       116     0     5     1    20
  7.0017515106548425E-02 a       117     0     5     1    21
  1.4203106682020736E+00 a       118     0     5     1    22
 -4.1689254663871300E-01 a       119     0     5     1    23
 -7.9151742603562403E-01 a       120     0     5     1    24
 -1.5934713366080231E+00 a       121     0     6     1     1
  9.8345823433124802E-01 a       122     0     6     1     2
  9.6643864817680791E-01 a       123     0     6     1     3
  3.8435951995163942E-01 a       124     0     6     1     4
  2.3855112274714427E+00 a       125     0     6     1     5
 -1.2587659311968320E+00 a       126     0     6     1     6
 -2.7732034881005694E+00 a       127     0     6     1     7
  1.1973066725853909E+00 a       128     0     6     1     8
 -6.8449155403442752E-01 a       129     0     6     1     9
 -3.2770988321674926E-01 a       130     0     6     1    10
  4.4883157468697865E-01 a       131     0     6     1    11
 -1.4748093488960377E+00 a       132     0     6     1    12
 -2.0684127159514429E+00 a       133     0     6     1    13
 -2.1623101449043780E+00 a       134     0     6     1    14
  2.0103945664978859E-01 a       135     0     6     1    15
 -1.5618511888247346E+00 a       136     0     6     1    16
  9.9398036195418160E-01 a       137     0     6     1    17
  2.5106380320321908E+00 a       138     0     6     1    18
 -2.2325933610992821E-01 a       139     0     6     1    19
  5.7490855904394444E-01 a       140     0     6     1    20
  2.0633745936298573E+00 a       141     0     6     1    21
 -2.5698647553736542E+00 a       142     0     6     1    22
 -1.7461393809354979E+00 a       143     0     6     1    23
 -2.1846831118374221E+00 a       144     0     6     1    24
 -3.5706156509941920E+01 a       145     0     7     1     1
 -3.0172254868146549E+01 a       146     0     7     1     2
  1.1860385258386081E+01 a       147     0     7     1     3
 -3.1523416121389555E+01 a       148     0     7     1     4
  2.2077514007692375E+01 a       149     0     7     1     5
  2.7675149750303998E+01 a       150     0     7     1     6
 -4.5431476224677567E+01 a       151     0     7     1     7
  2.4448834918218729E+01 a       152     0     7     1     8
 -2.7153664955349964E+01 a       153     0     7     1     9
  3.1654014027145734E+00 a       154     0     7     1    10
 -1.1372970087578194E+00 a       155     0     7     1    11
  1.8448289467784800E+01 a       156     0     7     1    12
  5.9334288039469536E+00 a       157     0     7     1    13
 -1.6722671203370378E+01 a       158     0     7     1    14
 -1.7023590045261674E+01 a       159     0     7     1    15
  2.7874738028255372E+01 a       160     0     7     1    16
  5.7089053290624516E+00 a       161     0     7     1    17
  1.2646424257002192E+01 a       162     0     7     1    18
  3.5307075002216131E+01 a       163     0     7     1    19
  4.9353647004386572E+00 a       164     0     7     1    20
  1.5962467952124783E+01 a       165     0     7     1    21
  1.7418016141859038E+01 a       166     0     7     1    22
 -9.5677066595401836E+00 a       167     0     7     1    23
  1.5519235574151255E+01 a       168     0     7     1    24
 -1.1660010416597965E+01 a       169     0     8     1     1
  1.3447426532083497E+01 a       170     0     8     1     2
  5.5968816430754700E+01 a       171     0     8     1     3
  2.3269296219498472E+01 a       172     0     8     1     4
  7.1972431002243354E+01 a       173     0     8     1     5
 -2.7151585222472175E+01 a       174     0     8     1     6
 -1.6972535455318980E+01 a       175     0     8     1     7
  6.8280476095446133E+01 a       176     0     8     1     8
  1.2731835354744010E+01 a       177     0     8     1     9
  1.8259990446763140E+01 a       178     0     8     1    10
  9.7334847757445164E+00 a       179     0     8     1    11
 -5.0036169294141764E+01 a       180     0     8     1    12
 -3.3730656203135972E+01 a       181     0     8     1    13
 -1.6160315778621392E+01 a       182     0     8     1    14
 -5.3873321608803062E+00 a       183     0     8     1    15
 -4.4855331695180052E+00 a       184     0     8     1    16
 -7.1254821350388218E+00 a       185     0     8     1    17
  1.9978115935602041E+01 a       186     0     8     1    18
  7.8631282010326711E+00 a       187     0     8     1    19
  4.6484113503308091E+00 a       188     0     8     1    20
  1.0813723557437234E+01 a       189     0     8     1    21
 -3.8295671633664462E+01 a       190     0     8     1    22
 -3.2157273520472657E+01 a       191     0     8     1    23
 -5.5587109727797532E+01 a       192     0     8     1    24
  3.0593809063006809E+01 a       193     0     9     1     1
  1.9422035675242221E+01 a       194     0     9     1     2
 -2.7724472792634621E+01 a       195     0     9     1     3
  4.1208442107986656E+01 a       196     0     9     1     4
  2.5446894940773333E+01 a       197     0     9     1     5
 -3.3196877419610637E+01 a       198     0     9     1     6
  1.0347396943575287E+01 a       199     0     9     1     7
  2.6347083310908520E+01 a       200     0     9     1     8
  5.6855437188658868E+00 a       201     0     9     1     9
  2.5572800613535929E+01 a       202     0     9     1    10
  2.9223644332322456E+00 a       203     0     9     1    11
  2.9194986556172310E+01 a       204     0     9     1    12
 -2.3289898753233991E+00 a       205     0     9     1    13
  4.7571524917707166E+01 a       206     0     9     1    14
  5.1945947388205314E+00 a       207     0     9     1    15
  6.4926925815828422E+00 a       208     0     9     1    16
 -3.3190241716181717E+01 a       209     0     9     1    17
 -2.5969321877816462E+01 a       210     0     9     1    18
  1.4535860893581864E+01 a       211     0     9     1    19
  3.5077327266951075E+00 a       212     0     9     1    20
  2.5338036747758625E+01 a       213     0     9     1    21
  1.0913912854323785E+01 a       214     0     9     1    22
 -4.3751950728413071E+01 a       215     0     9     1    23
 -5.2458122556178971E+01 a       216     0     9     1    24
 -9.9134304514595524E+00 a       217     0    10     1     1
 -5.8225509265186988E+00 a       218     0    10     1     2
  6.2168864362847831E+00 a       219     0    10     1     3
 -4.7093030905378575E+00 a       220     0    10     1     4
 -2.3686739895798992E+00 a       221     0    10     1     5
 -4.9129944900155742E+00 a       222     0    10     1     6
 -1.2391206745492569E+00 a       223     0    10     1     7
  3.6225677408164461E+00 a       224     0    10     1     8
 -3.0585565102438221E+00 a       225     0    10     1     9
 -2.1876498899515417E+00 a       226     0    10     1    10
 -2.1433516330546429E+00 a       227     0    10     1    11
 -2.2807487072889940E-01 a       228     0    10     1    12
 -1.1898687257376286E+01 a       229     0    10     1    13
  4.2647931353270376E+00 a       230     0    10     1    14
 -8.0399601289825817E+00 a       231     0    10     1    15
  1.0236325386715475E+00 a       232     0    10     1    16
 -4.9807611437505708E+00 a       233     0    10     1    17
  2.5843364901147132E+00 a       234     0    10     1    18
 -1.3451084504956338E+01 a       235     0    10     1    19
  1.3552429376790144E+01 a       236     0    10     1    20
 -3.0687392237278823E+00 a       237     0    10     1    21
  3.7653098485959258E+00 a       238     0    10     1    22
  4.7736001671395645E+00 a       239     0    10     1    23
  3.2095253912176784E+00 a       240     0    10     1    24
 -2.3112584656840376E+00 a       241     0    11     1     1
  2.7790482368735181E+00 a       242     0    11     1     2
  2.4510823254690384E+00 a       243     0    11     1     3
  2.4239303486642907E+00 a       244     0    11     1     4
  3.3997749352169335E+00 a       245     0    11     1     5
  1.2956415142920767E+00 a       246     0    11     1     6
  1.5258395241765612E+00 a       247     0    11     1     7
 -3.3570871104311948E+00 a       248     0    11     1     8
 -2.0428141489285943E+00 a       249     0    11     1     9
  8.5244668211034413E-01 a       250     0    11     1    10
 -2.1613703334008619E-01 a       251     0    11     1    11
 -6.7729196794751552E+00 a       252     0    11     1    12
 -3.3514657411009705E+00 a       253     0    11     1    13
  8.6625629645449387E-01 a       254     0    11     1    14
  3.2009882983465592E+00 a       255     0    11     1    15
 -2.4856708370061473E+00 a       256     0    11     1    16
 -2.7824745586118427E+00 a       257     0    11     1    17
  6.9789445705717779E-01 a       258     0    11     1    18
 -1.1339955027666054E+01 a       259     0    11     1    19
  5.4399804408973962E+00 a       260     0    11     1    20
  2.6070637540852246E+00 a       261     0    11     1    21
  6.9137332608739772E+00 a       262     0    11     1    22
  4.4302283928010597E+00 a       263     0    11     1    23
 -7.7766802298973596E+00 a       264     0    11     1    24
  3.1997571368730942E+00 a       265     0    12     1     1
 -7.5192260882667945E+00 a       266     0    12     1     2
  7.3193979954753328E+00 a       267     0    12     1     3
  3.3050559686742798E-01 a       268     0    12     1     4
 -6.6235886256900827E+00 a       269     0    12     1     5
 -1.6690225522508160E+00 a       270     0    12     1     6
 -1.5895717568958794E+00 a       271     0    12     1     7
 -1.0279593457892855E+00 a       272     0    12     1     8
  1.4574831015738448E+00 a       273     0    12     1     9
  7.1194697743748971E+00 a       274     0    12     1    10
 -9.4656825662535358E+00 a       275     0    12     1    11
 -1.5683096595240997E+00 a       276     0    12     1    12
  3.4876656031022746E-02 a       277     0    12     1    13
  2.8064782534265835E+00 a       278     0    12     1    14
  2.0366975599113495E+00 a       279     0    12     1    15
 -6.7754774075968793E+00 a       280     0    12     1    16
 -2.4478538222684061E+00 a       281     0    12     1    17
  1.6908205165423396E+00 a       282     0    12     1    18
 -6.6923372007191695E+00 a       283     0    12     1    19
 -4.4018179976104710E+00 a       284     0    12     1    20
  6.2662102854090640E-01 a       285     0    12     1    21
 -6.1316902858365463E+00 a       286     0    12     1    22
 -4.8137342099584046E+00 a       287     0    12     1    23
  3.8490347683386590E+00 a       288     0    12     1    24
  3.4637194923886274E+00 a       289     0    13     1     1
 -2.2658667657409667E-01 a       290     0    13     1     2
 -7.5575114601229187E-01 a       291     0    13     1     3
 -3.9764865915545577E-01 a       292     0    13     1     4
 -4.0883852811384358E+00 a       293     0    13     1     5
  1.4715224405354232E+00 a       294     0    13     1     6
  1.0531174533354708E+01 a       295     0    13     1     7
  2.5100698803992718E+00 a       296     0    13     1     8
  2.1011769075189028E+00 a       297     0    13     1     9
  1.7046672286778939E+00 a       298     0    13     1    10
  9.1535061720864630E-01 a       299     0    13     1    11
 -2.4519827895719377E+00 a       300     0    13     1    12
 -3.3606058353233372E+00 a       301     0    13     1    13
  5.8274748010935484E+00 a       302     0    13     1    14
  1.3223467219868985E+00 a       303     0    13     1    15
 -7.3515855820648202E-01 a       304     0    13     1    16
 -8.3805988467785522E+00 a       305     0    13     1    17
 -4.5434158767445840E+00 a       306     0    13     1    18
 -1.1565704993613508E+00 a       307     0    13     1    19
  5.0504084656135966E+00 a       308     0    13     1    20
 -4.9149337343201820E+00 a       309     0    13     1    21
  4.9399672519190370E+00 a       310     0    13     1    22
 -4.5988501313753205E-01 a       311     0    13     1    23
  2.7066177915667069E+00 a       312     0    13     1    24
 -3.2094628585927730E+01 a       313     0    14     1     1
 -7.5650881470258478E+00 a       314     0    14     1     2
 -1.1009799358566324E+01 a       315     0    14     1     3
 -1.1994833652067376E+00 a       316     0    14     1     4
  6.1050149614479823E+00 a       317     0    14     1     5
  1.1649683868239382E+00 a       318     0    14     1     6
 -1.0004492002576729E+01 a       319     0    14     1     7
 -1.2284256927143848E+00 a       320     0    14     1     8
 -8.5236738625690123E+00 a       321     0    14     1     9
 -1.6384972957308850E+01 a       322     0    14     1    10
  8.7797851027275498E-01 a       323     0    14     1    11
  3.0374356034298509E+00 a       324     0    14     1    12
 -9.4956101648487721E+00 a       325     0    14     1    13
 -2.2234714180997042E+00 a       326     0    14     1    14
 -8.4136772329222982E+00 a       327     0    14     1    15
  3.9728683166056098E+00 a       328     0    14     1    16
 -4.8650000140810512E+00 a       329     0    14     1    17
 -3.5744409339254450E+00 a       330     0    14     1    18
  3.0880655222260880E+00 a       331     0    14     1    19
 -7.7205929153038244E-01 a       332     0    14     1    20
  1.2174915669470810E+01 a       333     0    14     1    21
 -7.9844450895948087E-03 a       334     0    14     1    22
 -8.3824092843577613E+00 a       335     0    14     1    23
 -1.3487423387377959E+01 a       336     0    14     1    24
 -1.8674442373771079E+01 a       337     0    15     1     1
  7.7427786831155467E+00 a       338     0    15     1     2
  4.4592944384284152E+00 a       339     0    15     1     3
  1.0304570834336071E+00 a       340     0    15     1     4
  1.3953418963040765E+01 a       341     0    15     1     5
 -1.0639973404072540E+01 a       342     0    15     1     6
 -1.7864701071602980E+01 a       343     0    15     1     7
  1.9845273257052231E+01 a       344     0    15     1     8
 -6.6305720409112849E+00 a       345     0    15     1     9
  2.1430046510973115E+00 a       346     0    15     1    10
  2.9518711262044022E+00 a       347     0    15     1    11
 -6.7172021726166689E+00 a       348     0    15     1    12
 -1.2577187314546633E+01 a       349     0    15     1    13
 -7.5356006229961547E+00 a       350     0    15     1    14
 -7.3423084653538204E+00 a       351     0    15     1    15
 -1.0533922600931165E+01 a       352     0    15     1    16
  4.6884622435340271E+00 a       353     0    15     1    17
  1.7568331333029022E+01 a       354     0    15     1    18
 -2.2509910957291481E+00 a       355     0    15     1    19
  1.1268723272055306E+01 a       356     0    15     1    20
  9.1132237485586725E+00 a       357     0    15     1    21
 -8.8024153848679560E+00 a       358     0    15     1    22
 -9.7532460420304847E+00 a       359     0    15     1    23
 -5.0759456514466068E+00 a       360     0    15     1    24
  3.3757215657923638E+01 a       361     0    16     1     1
  2.5076092509098988E+01 a       362     0    16     1     2
  3.4391860046941439E+01 a       363     0    16     1     3
 -5.4722390277605186E+01 a       364     0    16     1     4
 -4.9764695258792486E+01 a       365     0    16     1     5
 -4.9458819011385629E+01 a       366     0    16     1     6
  6.3557350725391480E+01 a       367     0    16     1     7
 -2.9224859953235161E+01 a       368     0    16     1     8
  2.8536127159933383E+01 a       369     0    16     1     9
 -3.4781202607802051E+01 a       370     0    16     1    10
  3.3943365291196564E+01 a       371     0    16     1    11
  7.2368641043523340E+01 a       372     0    16     1    12
 -2.2812613280712753E+01 a       373     0    16     1    13
 -4.0519104680455548E+01 a       374     0    16     1    14
  2.6918575069117313E+01 a       375     0    16     1    15
 -3.4915452520239526E+01 a       376     0    16     1    16
  1.2563606484748270E+01 a       377     0    16     1    17
 -2.5905988431591808E+01 a       378     0    16     1    18
  1.3733888225072622E+01 a       379     0    16     1    19
 -7.6619611671853932E+01 a       380     0    16     1    20
  5.6566722042932930E+01 a       381     0    16     1    21
  1.9511455483463862E+01 a       382     0    16     1    22
  2.4685444998080122E+01 a       383     0    16     1    23
 -2.5181942145254411E+01 a       384     0    16     1    24
 -3.7290453100024479E+00 a       385     0    17     1     1
 -3.2389473290396801E+01 a       386     0    17     1     2
 -2.5617286384706304E+01 a       387     0    17     1     3
  1.8525978202243916E+00 a       388     0    17     1     4
 -1.0213182203060732E+02 a       389     0    17     1     5
  1.3845894329110029E+01 a       390     0    17     1     6
 -3.5378994334225673E+01 a       391     0    17     1     7
 -3.8559298970968804E+01 a       392     0    17     1     8
 -2.0868123799985501E+01 a       393     0    17     1     9
  5.1638820409100191E+01 a       394     0    17     1    10
  2.0860342686913351E+00 a       395     0    17     1    11
  3.5852692476831194E+01 a       396     0    17     1    12
  1.5599282878967145E+01 a       397     0    17     1    13
  1.5772869483742136E+01 a       398     0    17     1    14
  1.9694743206896700E+01 a       399     0    17     1    15
 -2.5267048627930269E+01 a       400     0    17     1    16
  5.5780457280165038E+01 a       401     0    17     1    17
 -5.7756034184563852E+01 a       402     0    17     1    18
  4.7598263681527079E+01 a       403     0    17     1    19
 -2.6561920546503579E+00 a       404     0    17     1    20
  6.8347013139546078E+01 a       405     0    17     1    21
  2.2062090302711486E+01 a       406     0    17     1    22
  2.3032367076322210E+01 a       407     0    17     1    23
  2.6965482722694354E+01 a       408     0    17     1    24
 -1.6333699702553211E+01 a       409     0    18     1     1
  4.8430968545962521E+01 a       410     0    18     1     2
 -5.9554457081048945E+01 a       411     0    18     1     3
  4.0229491548265578E+01 a       412     0    18     1     4
 -1.8477557207214105E+01 a       413     0    18     1     5
  2.3860552724781495E+01 a       414     0    18     1     6
  2.3443794663656945E+01 a       415     0    18     1     7
 -6.2187894527516683E+01 a       416     0    18     1     8
 -8.5119957638963673E+00 a       417     0    18     1     9
 -3.2209663123201736E+01 a       418     0    18     1    10
 -6.3819454739015438E+00 a       419     0    18     1    11
 -1.1383275725168646E+02 a       420     0    18     1    12
  2.3317213544825492E+01 a       421     0    18     1    13
  9.6196627867927975E-01 a       422     0    18     1    14
  3.3598558978998265E+00 a       423     0    18     1    15
 -2.6334917037462500E+01 a       424     0    18     1    16
  3.1932174871067325E+01 a       425     0    18     1    17
  2.2945339401257844E+01 a       426     0    18     1    18
 -4.8677382606137733E+01 a       427     0    18     1    19
  8.4628983324077289E+00 a       428     0    18     1    20
 -1.0048167583320753E+02 a       429     0    18     1    21
 -6.1796114077277778E+01 a       430     0    18     1    22
  5.7963790522202018E+01 a       431     0    18     1    23
  1.8996547280882158E+01 a       432     0    18     1    24
 -2.0637910874786670E+01 a       433     0    19     1     1
  9.9962045657910554E+00 a       434     0    19     1     2
 -7.2864812947854631E+01 a       435     0    19     1     3
 -2.1695233654164063E+01 a       436     0    19     1     4
 -4.7039668288313088E+01 a       437     0    19     1     5
  1.0225864490716770E+01 a       438     0    19     1     6
  5.0929535622402344E+00 a       439     0    19     1     7
 -7.9049769064297010E+01 a       440     0    19     1     8
 -2.9473003656022627E+01 a       441     0    19     1     9
 -6.2421347734040175E+01 a       442     0    19     1    10
 -2.3027665236356661E+01 a       443     0    19     1    11
  5.8324345855509016E+01 a       444     0    19     1    12
  3.7605640341034132E+01 a       445     0    19     1    13
 -2.6190899127263815E+01 a       446     0    19     1    14
  3.7503350836629457E-01 a       447     0    19     1    15
  2.2103682107945748E+01 a       448     0    19     1    16
  2.0080655186248482E+01 a       449     0    19     1    17
  3.6777016290183191E+01 a       450     0    19     1    18
 -4.7395217639878631E+01 a       451     0    19     1    19
 -4.3814329949511489E+01 a       452     0    19     1    20
 -3.4454220785464408E+01 a       453     0    19     1    21
  1.6803254363607703E+01 a       454     0    19     1    22
  4.1517547721475026E+01 a       455     0    19     1    23
  6.4804491470335222E+01 a       456     0    19     1    24
 -1.9413464822102970E+01 a       457     0    20     1     1
 -8.8146522718523954E+00 a       458     0    20     1     2
 -8.5381612487436154E-01 a       459     0    20     1     3
  4.7503488211390152E+00 a       460     0    20     1     4
  1.0057820241434143E+01 a       461     0    20     1     5
  5.1513759806338859E+00 a       462     0    20     1     6
 -1.4017398197791495E+01 a       463     0    20     1     7
  1.4073132447090551E+01 a       464     0    20     1     8
 -4.8252284181860254E+00 a       465     0    20     1     9
  2.0173520503779510E+00 a       466     0    20     1    10
 -4.2222830318034354E+00 a       467     0    20     1    11
 -4.2063895052091906E+00 a       468     0    20     1    12
 -7.5356309760531728E+00 a       469     0    20     1    13
  1.0407050851604540E+01 a       470     0    20     1    14
 -1.2602178199047390E+01 a       471     0    20     1    15
  9.4072650863198852E+00 a       472     0    20     1    16
 -9.3576260736107031E+00 a       473     0    20     1    17
  4.9013458698780532E+00 a       474     0    20     1    18
 -1.1949076262256897E+01 a       475     0    20     1    19
  2.5038468234863032E+01 a       476     0    20     1    20
  1.1407537170998743E+00 a       477     0    20     1    21
  3.8597684175195157E+00 a       478     0    20     1    22
 -7.4368563322809251E+00 a       479     0    20     1    23
  1.2267123885556566E+00 a       480     0    20     1    24
 -3.4448940763537865E+00 a       481     0    21     1     1
  8.9402224867460092E+00 a       482     0    21     1     2
  1.1936713063785708E+01 a       483     0    21     1     3
  1.8084748187251332E-01 a       484     0    21     1     4
  2.1461391072980305E+01 a       485     0    21     1     5
 -2.6646154350779301E+00 a       486     0    21     1     6
  3.9672626378531590E+00 a       487     0    21     1     7
  1.1121096140032737E+01 a       488     0    21     1     8
  1.1112217150211516E+00 a       489     0    21     1     9
 -5.3227094215181001E+00 a       490     0    21     1    10
  1.3368207376687153E+00 a       491     0    21     1    11
 -1.1548970852461427E+01 a       492     0    21     1    12
 -9.1849788606838025E+00 a       493     0    21     1    13
 -1.3583198683274522E+00 a       494     0    21     1    14
 -6.2077223974540132E+00 a       495     0    21     1    15
  8.4953445728642374E-01 a       496     0    21     1    16
 -1.3418554621618101E+01 a       497     0    21     1    17
  1.3290897927457481E+01 a       498     0    21     1    18
 -1.6808967426555459E+01 a       499     0    21     1    19
  1.1572730038105938E+01 a       500     0    21     1    20
 -3.7568747335362431E+00 a       501     0    21     1    21
  2.2309526788803442E+00 a       502     0    21     1    22
 -5.1160200916019205E+00 a       503     0    21     1    23
 -1.3380607301630729E+01 a       504     0    21     1    24
 -2.4028381335839185E+01 a       505     0    22     1     1
 -4.8785896051671971E+00 a       506     0    22     1     2
 -2.0629251859389239E+01 a       507     0    22     1     3
  2.6041905659132048E+01 a       508     0    22     1     4
  4.1355864052381968E+01 a       509     0    22     1     5
  8.8409809046618719E+01 a       510     0    22     1     6
 -3.3555738243567163E+01 a       511     0    22     1     7
  3.6767840318398029E+01 a       512     0    22     1     8
  3.1200024087312222E+01 a       513     0    22     1     9
 -1.6054171093400058E+01 a       514     0    22     1    10
  4.3283651027619626E+01 a       515     0    22     1    11
 -2.3268350986758065E+01 a       516     0    22     1    12
  4.6513434224673247E+01 a       517     0    22     1    13
 -2.4128701888188775E+01 a       518     0    22     1    14
  1.9601578175622990E+01 a       519     0    22     1    15
  5.8499577852652770E+01 a       520     0    22     1    16
  2.7615427570726916E+00 a       521     0    22     1    17
  1.5757659344341595E+00 a       522     0    22     1    18
  6.2094625867551767E-01 a       523     0    22     1    19
  4.9128453523377239E+01 a       524     0    22     1    20
  3.0618889380575201E+01 a       525     0    22     1    21
 -8.6626375942488618E+00 a       526     0    22     1    22
 -1.1586444014332006E+01 a       527     0    22     1    23
  4.4953307608164096E+01 a       528     0    22     1    24
  2.9412896474044153E+01 a       529     0    23     1     1
 -1.0517516993477388E+01 a       530     0    23     1     2
  1.4966998637293644E+01 a       531     0    23     1     3
 -3.2407805441583406E+01 a       532     0    23     1     4
  3.3129325802716238E+01 a       533     0    23     1     5
  1.5234087372292290E+01 a       534     0    23     1     6
 -1.3868509000188318E+01 a       535     0    23     1     7
  1.3788403358284894E+01 a       536     0    23     1     8
  7.9305684627965105E+00 a       537     0    23     1     9
 -2.1069868471871466E+01 a       538     0    23     1    10
 -8.6175894208670822E-01 a       539     0    23     1    11
  4.8337298023506584E+01 a       540     0    23     1    12
  4.0156042684618150E+01 a       541     0    23     1    13
 -2.2700220506200752E+00 a       542     0    23     1    14
 -4.1193135423970176E+01 a       543     0    23     1    15
  3.5560963909533442E+01 a       544     0    23     1    16
 -2.3706184948828785E+01 a       545     0    23     1    17
  2.4340639930796264E+01 a       546     0    23     1    18
 -9.6499178363902125E+00 a       547     0    23     1    19
 -4.6847801090442029E+00 a       548     0    23     1    20
 -9.3786843031006235E+00 a       549     0    23     1    21
 -1.2118587879615808E+01 a       550     0    23     1    22
 -3.3681052027742666E+01 a       551     0    23     1    23
  9.8355840750269259E+00 a       552     0    23     1    24
  3.5579883662322011E+01 a       553     0    24     1     1
 -5.6345713138286140E+00 a       554     0    24     1     2
  1.0866481240095096E+01 a       555     0    24     1     3
 -4.5801592615482249E+00 a       556     0    24     1     4
 -5.2383869349602392E+00 a       557     0    24     1     5
 -2.1841521456515366E+01 a       558     0    24     1     6
  5.8164471138879534E+00 a       559     0    24     1     7
 -1.2513676194950913E+01 a       560     0    24     1     8
 -1.5477138505047503E+01 a       561     0    24     1     9
  2.7914101051281310E+01 a       562     0    24     1    10
 -2.5266919382453292E+01 a       563     0    24     1    11
  1.2594897445715430E+01 a       564     0    24     1    12
  8.0186570411149773E+00 a       565     0    24     1    13
  5.4301963063379102E+00 a       566     0    24     1    14
  3.7001612262111694E+00 a       567     0    24     1    15
 -2.1526170279509341E+01 a       568     0    24     1    16
  5.4326135481126139E+00 a       569     0    24     1    17
 -3.3730299604578322E+00 a       570     0    24     1    18
  3.1371067943349303E+01 a       571     0    24     1    19
 -3.9340883044230630E+01 a       572     0    24     1    20
 -1.1228926950077970E+01 a       573     0    24     1    21
  5.0329971117332564E+00 a       574     0    24     1    22
 -1.0249732787421902E+01 a       575     0    24     1    23
 -1.6030581856609373E+01 a       576     0    24     1    24
  6.9119553412198076E-01 a       577     0    25     1     1
 -3.4172205578589815E-01 a       578     0    25     1     2
  5.5748089061748249E+00 a       579     0    25     1     3
  1.6993715829875637E+01 a       580     0    25     1     4
  7.8142946973207374E+00 a       581     0    25     1     5
 -1.2036368312037467E+01 a       582     0    25     1     6
  1.4547592004500862E+01 a       583     0    25     1     7
  1.7808862153122096E+01 a       584     0    25     1     8
  1.4151027812485946E+01 a       585     0    25     1     9
  9.7597347443913733E+00 a       586     0    25     1    10
  3.4857329020436523E+00 a       587     0    25     1    11
 -2.9611119771520542E+01 a       588     0    25     1    12
 -1.5898728876023794E+01 a       589     0    25     1    13
  2.4871392790591473E+00 a       590     0    25     1    14
  1.5020566289768475E+01 a       591     0    25     1    15
 -9.3996440098642360E+00 a       592     0    25     1    16
  1.7111756246297427E+00 a       593     0    25     1    17
 -1.5909222822419499E+01 a       594     0    25     1    18
  2.9159593950533527E+01 a       595     0    25     1    19
 -7.1928629905120145E+00 a       596     0    25     1    20
 -1.1901253194903729E+01 a       597     0    25     1    21
 -1.6759140622589804E+01 a       598     0    25     1    22
 -3.5018606938069019E+00 a       599     0    25     1    23
 -7.4364262189061998E+00 a       600     0    25     1    24
  5.8928636631907221E+00 a       601     0    26     1     1
 -2.0797500252412098E+00 a       602     0    26     1     2
 -7.8470808187342698E+00 a       603     0    26     1     3
 -6.6256666978978682E+00 a       604     0    26     1     4
 -1.0408637657712040E+01 a       605     0    26     1     5
  6.5826726494026637E+00 a       606     0    26     1     6
  7.1652919329777500E+00 a       607     0    26     1     7
 -1.0124174299889303E+01 a       608     0    26     1     8
 -2.8999091608715388E-01 a       609     0    26     1     9
 -2.9492318826960591E+00 a       610     0    26     1    10
 -1.0371667895013559E+00 a       611     0    26     1    11
  6.4507215086412071E+00 a       612     0    26     1    12
  3.9849189532943661E+00 a       613     0    26     1    13
  7.1066043122086002E+00 a       614     0    26     1    14
 -5.8400197400200127E-01 a       615     0    26     1    15
 -6.9651119582781557E-02 a       616     0    26     1    16
 -4.5232070736383241E+00 a       617     0    26     1    17
 -5.1658001343064619E+00 a       618     0    26     1    18
 -2.5602806359542902E+00 a       619     0    26     1    19
  5.1623492646286024E+00 a       620     0    26     1    20
 -3.9321581925782594E+00 a       621     0    26     1    21
  9.3155925055674018E+00 a       622     0    26     1    22
  3.8091002926869333E+00 a       623     0    26     1    23
  8.4718542261105085E+00 a       624     0    26     1    24
  6.3901149756832815E+01 a       625     0    27     1     1
 -1.5609041522193799E+01 a       626     0    27     1     2
  5.0349532165511910E+01 a       627     0    27     1     3
 -1.0510878717465129E+00 a       628     0    27     1     4
 -2.3486870888217254E+01 a       629     0    27     1     5
 -7.7833006571988230E+00 a       630     0    27     1     6
  1.1523684167541226E+01 a       631     0    27     1     7
  2.8011640153733195E+00 a       632     0    27     1     8
  1.6879724087929610E+01 a       633     0    27     1     9
  4.5260203386500997E+01 a       634     0    27     1    10
 -2.8769492523403002E+01 a       635     0    27     1    11
 -5.7071498121253992E+00 a       636     0    27     1    12
  3.3276649232974078E+00 a       637     0    27     1    13
  9.4134030380630076E+00 a       638     0    27     1    14
  1.0497296215922868E+01 a       639     0    27     1    15
 -2.0843886286325045E+01 a       640     0    27     1    16
  2.1106675854134087E+00 a       641     0    27     1    17
  5.4471991226121448E+00 a       642     0    27     1    18
 -2.1665637249796706E+01 a       643     0    27     1    19
  7.5540651961251273E+00 a       644     0    27     1    20
 -2.5739561983752548E+01 a       645     0    27     1    21
 -7.7477129226203223E-01 a       646     0    27     1    22
  5.9525623720556435E+00 a       647     0    27     1    23
  3.7412550780729234E+01 a       648     0    27     1    24
  4.8979246298176029E+01 a       649     0    28     1     1
 -1.4539249649441581E+01 a       650     0    28     1     2
 -5.4049882106813438E+00 a       651     0    28     1     3
 -2.4133201948161758E+00 a       652     0    28     1     4
 -2.0891852414589891E+01 a       653     0    28     1     5
  2.5824639928875534E+01 a       654     0    28     1     6
  6.2092443783880363E+01 a       655     0    28     1     7
 -3.1429434662650916E+01 a       656     0    28     1     8
  2.4879657283702837E+01 a       657     0    28     1     9
 -1.7925148997474862E+00 a       658     0    28     1    10
 -1.3530536910775084E+00 a       659     0    28     1    11
 -4.8952572848080020E+00 a       660     0    28     1    12
  1.4919566385078825E+01 a       661     0    28     1    13
  3.2707307799339233E+01 a       662     0    28     1    14
  1.7223975954867996E+01 a       663     0    28     1    15
  1.4798952193915261E+01 a       664     0    28     1    16
 -3.4899530364082722E+01 a       665     0    28     1    17
 -4.9051398872852154E+01 a       666     0    28     1    18
  3.9281731266952704E+00 a       667     0    28     1    19
  1.1153903088207802E+00 a       668     0    28     1    20
 -3.4920680772739253E+01 a       669     0    28     1    21
  3.0748453876044671E+01 a       670     0    28     1    22
  1.7073048934088586E+01 a       671     0    28     1    23
  7.2881620052578713E+00 a       672     0    28     1    24
 -3.4621735033923180E+01 a       673     0    29     1     1
 -5.6568472294488688E+00 a       674     0    29     1     2
 -4.8996369342219390E+00 a       675     0    29     1     3
 -1.7948773658395925E+01 a       676     0    29     1     4
  7.6192320972784531E+00 a       677     0    29     1     5
 -2.2761845483479622E+01 a       678     0    29     1     6
 -1.2508895255199052E+01 a       679     0    29     1     7
  3.4363341781302275E+00 a       680     0    29     1     8
 -2.7175005290315802E+01 a       681     0    29     1     9
 -1.1551823219592142E+01 a       682     0    29     1    10
 -2.1427109137593892E+00 a       683     0    29     1    11
  1.7284207816857275E+01 a       684     0    29     1    12
 -2.3756317465136160E+01 a       685     0    29     1    13
  1.0858832498293518E+00 a       686     0    29     1    14
 -2.6229559181299848E+01 a       687     0    29     1    15
  5.4929887040650236E+00 a       688     0    29     1    16
 -2.7822279298438066E+00 a       689     0    29     1    17
  5.3894685725479610E+00 a       690     0    29     1    18
  1.5207680813921382E+01 a       691     0    29     1    19
  2.3672031814039469E+00 a       692     0    29     1    20
 -9.2459978689286837E-01 a       693     0    29     1    21
  1.8607908372338954E+01 a       694     0    29     1    22
  1.8184574674304006E+00 a       695     0    29     1    23
 -2.1704395885324107E+01 a       696     0    29     1    24
 -3.0477963046780147E+01 a       697     0    30     1     1
  1.6687415461748387E+01 a       698     0    30     1     2
  2.0462515641711200E+01 a       699     0    30     1     3
  2.1861253038418333E+01 a       700     0    30     1     4
  3.4756627824939613E+01 a       701     0    30     1     5
 -2.4279320107903981E+01 a       702     0    30     1     6
 -2.3083819732150076E+01 a       703     0    30     1     7
  3.0015051697966950E+01 a       704     0    30     1     8
 -2.8560751074262347E+00 a       705     0    30     1     9
  9.7768155339834593E+00 a       706     0    30     1    10
  5.3548581642484603E+00 a       707     0    30     1    11
 -3.9301983192669837E+01 a       708     0    30     1    12
 -3.4182704606555426E+01 a       709     0    30     1    13
 -1.6248325239900716E+01 a       710     0    30     1    14
  5.2892708521559122E+00 a       711     0    30     1    15
 -1.9570258611542886E+01 a       712     0    30     1    16
  1.3167978865389060E+01 a       713     0    30     1    17
  1.9722216388632923E+01 a       714     0    30     1    18
 -8.3127909005972922E-01 a       715     0    30     1    19
  8.7137541432509078E+00 a       716     0    30     1    20
  1.6761849992107450E+01 a       717     0    30     1    21
 -1.9402631284703265E+01 a       718     0    30     1    22
 -4.9436040498190197E+00 a       719     0    30     1    23
 -3.3877360669678851E+01 a       720     0    30     1    24
 -5.2875670936198459E-02 a       721     0    31     1     1
 -1.2207881304929531E+00 a       722     0    31     1     2
 -1.1672708588747513E+00 a       723     0    31     1     3
  1.1345219781971310E+00 a       724     0    31     1     4
 -2.8178056723400804E+00 a       725     0    31     1     5
 -1.7807179575014533E+00 a       726     0    31     1     6
  1.7069404324632276E+00 a       727     0    31     1     7
 -1.6913854515205047E+00 a       728     0    31     1     8
  1.8945895195745373E+00 a       729     0    31     1     9
  3.0623985452249745E+00 a       730     0    31     1    10
  4.2578985729511558E+00 a       731     0    31     1    11
  1.2705427500944708E+00 a       732     0    31     1    12
 -7.1115263587707245E-01 a       733     0    31     1    13
 -2.7827073020522604E+00 a       734     0    31     1    14
  1.4453469899740354E+00 a       735     0    31     1    15
  5.1838626465792439E+00 a       736     0    31     1    16
 -2.9257345630725031E+00 a       737     0    31     1    17
 -2.1174705344694105E+00 a       738     0    31     1    18
 -2.2453958887977645E+00 a       739     0    31     1    19
  3.7618886864435608E-01 a       740     0    31     1    20
 -3.7211221702089947E+00 a       741     0    31     1    21
  2.2213954748461586E+00 a       742     0    31     1    22
  2.6362550989092890E+00 a       743     0    31     1    23
 -1.9964698419706590E+00 a       744     0    31     1    24
 -5.7710051308942645E-01 a       745     0    32     1     1
 -1.1083334652938310E+00 a       746     0    32     1     2
 -2.7620373844769813E-01 a       747     0    32     1     3
 -2.2705166338186672E-01 a       748     0    32     1     4
  3.7639146312740462E-01 a       749     0    32     1     5
 -2.3788824835156581E+00 a       750     0    32     1     6
 -1.7222096733581022E-01 a       751     0    32     1     7
 -1.9185004443009668E+00 a       752     0    32     1     8
  1.4240824166729538E+00 a       753     0    32     1     9
  1.2844408851644715E+00 a       754     0    32     1    10
  1.0422246912501441E+00 a       755     0    32     1    11
 -8.6107613489669510E-01 a       756     0    32     1    12
 -3.3045739737901098E-01 a       757     0    32     1    13
  4.3828674245502852E-01 a       758     0    32     1    14
 -7.4232956884434109E-01 a       759     0    32     1    15
  1.4087950509067320E+00 a       760     0    32     1    16
 -4.8252613819643519E-01 a       761     0    32     1    17
 -4.6475761871207610E-01 a       762     0    32     1    18
 -2.2521517443050043E+00 a       763     0    32     1    19
 -2.1116800390275567E-01 a       764     0    32     1    20
  7.9303060943862758E-01 a       765     0    32     1    21
 -8.7431231927286024E-01 a       766     0    32     1    22
  1.3225659728177022E+00 a       767     0    32     1    23
 -7.6166209764357373E-01 a       768     0    32     1    24
 -1.2022522026649678E-01 b       769     1     1
  1.2726018394311511E-01 b       770     1     2
  1.7953038593570145E-02 b       771     1     3
 -9.2391819526846539E-02 b       772     1     4
  2.4201241770943641E-02 b       773     1     5
 -1.9901716404138126E-01 b       774     1     6
  1.4002717632812519E-02 b       775     1     7
  2.0787860438787187E-01 b       776     1     8
 -3.8686840052039235E-03 b       777     1     9
  6.9960529922180062E-02 b       778     1    10
  8.7966398061635059E-02 b       779     1    11
  1.1050974577167173E-02 b       780     1    12
 -9.7394432988636231E-02 b       781     1    13
 -1.6022515258364931E-01 b       782     1    14
 -9.3345586924183637E-03 b       783     1    15
  1.7529705134944870E-01 b       784     1    16
 -8.8637108689275546E-02 b       785     1    17
 -3.1983248783821229E-02 b       786     1    18
 -1.7428784911224021E-01 b       787     1    19
  1.6962111590280840E-01 b       788     1    20
 -6.9187285781546398E-02 b       789     1    21
  5.8655963278878162E-02 b       790     1    22
  2.4011813709727287E-01 b       791     1    23
 -1.3537800270700723E-01 b       792     1    24
  1.8878842865803998E+00 a       793     1     1     2     1
  2.2479632444053061E+00 a       794     1     1     2     2
 -1.2148023042150158E+00 a       795     1     1     2     3
  3.4727596727549392E-01 a       796     1     1     2     4
  6.4040477375466554E-01 a       797     1     1     2     5
 -1.5043487965080165E+00 a       798     1     1     2     6
  1.3461518500679925E+00 a       799     1     1     2     7
 -8.1709532956049791E-01 a       800     1     1     2     8
  6.0121920548359897E-01 a       801     1     1     2     9
  6.4580067770083858E+00 a       802     1     1     2    10
 -3.4208283303480891E-01 a       803     1     1     2    11
 -1.2087894380007791E+00 a       804     1     1     2    12
  3.6262298158621071E+00 a       805     1     1     2    13
  3.1048519792935898E+00 a       806     1     1     2    14
 -5.9426086975081949E-01 a       807     1     1     2    15
  2.7870572886556677E-01 a       808     1     1     2    16
 -1.2950809447432127E-01 a       809     1     1     2    17
 -3.6521142057520634E-01 a       810     1     1     2    18
  9.8422590078443506E-01 a       811     1     1     2    19
 -5.4423493656247057E+00 a       812     1     1     2    20
  4.4905320353088507E-01 a       813     1     1     2    21
  1.1164880113460844E+00 a       814     1     1     2    22
  5.0061648088420463E-01 a       815     1     1     2    23
  1.8275929555676718E-01 a       816     1     1     2    24
  1.1196684965802259E+00 a       817     1     2     2     1
 -3.2597095168641171E-01 a       818     1     2     2     2
 -6.8889182418378248E-01 a       819     1     2     2     3
  6.2081068771452941E-01 a       820     1     2     2     4
 -1.0065833916811018E+00 a       821     1     2     2     5
  9.5648533916173928E-01 a       822     1     2     2     6
  1.9979057487389107E-01 a       823     1     2     2     7
 -2.5553225858108863E-01 a       824     1     2     2     8
 -6.6361367433245722E-01 a       825     1     2     2     9
 -1.0126804684919590E+00 a       826     1     2     2    10
  2.2063401281114758E-01 a       827     1     2     2    11
  8.0377911367669375E-01 a       828     1     2     2    12
 -7.9510336253013536E-01 a       829     1     2     2    13
 -1.4460660235168561E+00 a       830     1     2     2    14
  3.2786804868955410E-01 a       831     1     2     2    15
 -7.4845420472344312E-02 a       832     1     2     2    16
 -4.9895053187787891E-01 a       833     1     2     2    17
 -2.9410540692567844E-01 a       834     1     2     2    18
  8.6697578694520150E-01 a       835     1     2     2    19
  2.1487753845427688E+00 a       836     1     2     2    20
  1.2444537711045984E+00 a       837     1     2     2    21
 -1.8657304199341536E+00 a       838     1     2     2    22
 -1.6619111639202595E+00 a       839     1     2     2    23
 -1.5183862804721597E+00 a       840     1     2     2    24
 -9.0145077047832811E-01 a       841     1     3     2     1
 -2.4192897516856724E+00 a       842     1     3     2     2
  9.8680825166882946E-01 a       843     1     3     2     3
 -5.5198655513437245E-01 a       844     1     3     2     4
 -5.1265007287046582E-01 a       845     1     3     2     5
  1.2390739109159028E+00 a       846     1     3     2     6
 -2.5973122726498904E-01 a       847     1     3     2     7
  9.8837523455931664E-02 a       848     1     3     2     8
 -1.4881887885212333E+00 a       849     1     3     2     9
 -4.5080931390820356E-01 a       850     1     3     2    10
  3.7164872283142175E-01 a       851     1     3     2    11
  2.6414515591554739E+00 a       852     1     3     2    12
 -2.1951004782067267E+00 a       853     1     3     2    13
  2.6116781481260865E+00 a       854     1     3     2    14
  5.8183778280439102E-01 a       855     1     3     2    15
 -4.1233234550054321E-01 a       856     1     3     2    16
 -1.3679917857339881E+00 a       857     1     3     2    17
  9.8082610330108710E-01 a       858     1     3     2    18
  6.5217242560307222E-03 a       859     1     3     2    19
 -5.2970317042625243E+00 a       860     1     3     2    20
 -2.9731917845757292E+00 a       861     1     3     2    21
  7.6385243240973522E-01 a       862     1     3     2    22
 -1.2263006731415151E+00 a       863     1     3     2    23
  2.2331961519847194E+00 a       864     1     3     2    24
 -2.0218539370123731E+00 a       865     1     4     2     1
 -1.0073710855685878E+00 a       866     1     4     2     2
  7.9681849822628575E-02 a       867     1     4     2     3
 -8.6730082421743593E-01 a       868     1     4     2     4
  6.6536736020644471E-01 a       869     1     4     2     5
 -2.8746523663331242E-01 a       870     1     4     2     6
  7.3943133257314697E-01 a       871     1     4     2     7
  2.9627503867002009E-01 a       872     1     4     2     8
  1.9819757639949471E+00 a       873     1     4     2     9
  3.9784017965559448E-01 a       874     1     4     2    10
 -8.4141701630591981E-01 a       875     1     4     2    11
 -5.3373197240765649E+00 a       876     1     4     2    12
 -1.2853285606897795E+00 a       877     1     4     2    13
 -3.2939941915204096E-01 a       878     1     4     2    14
  1.9994351668044966E-01 a       879     1     4     2    15
  2.1926016448909250E-01 a       880     1     4     2    16
  1.4916873857539776E+00 a       881     1     4     2    17
 -3.0958664661670648E-01 a       882     1     4     2    18
  1.0023884360543701E-01 a       883     1     4     2    19
  4.2924003290698973E+00 a       884     1     4     2    20
 -6.6936568523274209E-01 a       885     1     4     2    21
  8.4282462141908698E-01 a       886     1     4     2    22
 -8.0271527980562940E-01 a       887     1     4     2    23
  2.3272253253957791E+00 a       888     1     4     2    24
  1.5195400305621329E+00 a       889     1     5     2     1
  5.8748820473170769E+00 a       890     1     5     2     2
 -1.1602239612016314E+00 a       891     1     5     2     3
 -1.1853898125546349E-01 a       892     1     5     2     4
  2.1345778734200554E-01 a       893     1     5     2     5
  1.2340934359582920E-01 a       894     1     5     2     6
  6.1471892582518384E-01 a       895     1     5     2     7
  9.9420861159041418E-02 a       896     1     5     2     8
 -2.3696752387082984E+00 a       897     1     5     2     9
  5.5270998665620947E+00 a       898     1     5     2    10
 -2.4289321827682675E-01 a       899     1     5     2    11
  5.1764779362471964E+00 a       900     1     5     2    12
  3.3806511915446030E-01 a       901     1     5     2    13
 -1.5767517145782124E+00 a       902     1     5     2    14
 -8.3521633389641015E-01 a       903     1     5     2    15
 -3.1286936063941345E-01 a       904     1     5     2    16
 -1.9503880766088701E+00 a       905     1     5     2    17
 -1.4999821359886332E+00 a       906     1     5     2    18
  8.9416532551979144E-01 a       907     1     5     2    19
 -2.1833551555641280E+00 a       908     1     5     2    20
  1.1297660701791186E+00 a       909     1     5     2    21
 -1.4841320966943878E+00 a       910     1     5     2    22
  2.1216013543097172E+00 a       911     1     5     2    23
 -1.4591660441586360E+00 a       912     1     5     2    24
 -8.7093741589522422E-01 a       913     1     6     2     1
  1.2117934352332418E+00 a       914     1     6     2     2
  1.3619664317748832E+00 a       915     1     6     2     3
 -1.2076018405456779E+00 a       916     1     6     2     4
  3.0098297691655560E+00 a       917     1     6     2     5
 -7.4460711622635445E-01 a       918     1     6     2     6
  1.4237645674948856E+00 a       919     1     6     2     7
 -1.2406775986515926E+00 a       920     1     6     2     8
 -7.0701523228359231E-01 a       921     1     6     2     9
 -6.1173657919193918E+00 a       922     1     6     2    10
  1.1480391305168050E+00 a       923     1     6     2    11
 -2.2617076121246149E+00 a       924     1     6     2    12
 -5.6486401000195867E+00 a       925     1     6     2    13
 -1.1471237292816778E+00 a       926     1     6     2    14
 -4.2234581369543345E-01 a       927     1     6     2    15
 -1.8318642180574707E-01 a       928     1     6     2    16
 -5.9715065575664161E-01 a       929     1     6     2    17
 -7.6672697765631626E-02 a       930     1     6     2    18
  5.1091976935894512E-01 a       931     1     6     2    19
  5.6954261033194564E-01 a       932     1     6     2    20
 -1.2487941971957299E+00 a       933     1     6     2    21
  1.1332172918269201E+00 a       934     1     6     2    22
  1.3645899035038875E+00 a       935     1     6     2    23
  3.5321071043122205E+00 a       936     1     6     2    24
 -3.4668587140694584E-01 a       937     1     7     2     1
  2.3395973985635221E+00 a       938     1     7     2     2
 -1.0084629447823139E+00 a       939     1     7     2     3
 -1.9040696069500887E-01 a       940     1     7     2     4
 -9.3753089903217346E-01 a       941     1     7     2     5
  1.5145020535526540E-01 a       942     1     7     2     6
  9.9668888187810756E-01 a       943     1     7     2     7
 -2.6842087188575880E-01 a       944     1     7     2     8
  9.6029622461206676E-01 a       945     1     7     2     9
  6.3167768305371803E+00 a       946     1     7     2    10
 -1.5346030477296873E+00 a       947     1     7     2    11
  1.1611048544978144E+00 a       948     1     7     2    12
  3.8804593195950647E+00 a       949     1     7     2    13
  1.2731029171630819E+00 a       950     1     7     2    14
 -1.2683774475986513E+00 a       951     1     7     2    15
  2.2564206809375933E-01 a       952     1     7     2    16
  3.1921428421809961E-01 a       953     1     7     2    17
  6.4386521650465511E-01 a       954     1     7     2    18
 -1.4375762712928988E+00 a       955     1     7     2    19
 -1.4272326981682539E+00 a       956     1     7     2    20
  6.1368348125461369E-01 a       957     1     7     2    21
 -5.4176648886317038E-03 a       958     1     7     2    22
  3.9085598002517946E-01 a       959     1     7     2    23
 -1.7490069289041557E-01 a       960     1     7     2    24
  1.7098409719565939E+00 a       961     1     8     2     1
 -1.3848345588146738E+00 a       962     1     8     2     2
 -1.0338052015914536E+00 a       963     1     8     2     3
 -1.0323617424126537E+00 a       964     1     8     2     4
  5.0311948055765332E-02 a       965     1     8     2     5
 -5.0262487069233908E-01 a       966     1     8     2     6
 -6.0016766773508723E-01 a       967     1     8     2     7
 -1.0052517549735895E+00 a       968     1     8     2     8
 -6.5496701360421961E-01 a       969     1     8     2     9
 -5.2792600733959043E+00 a       970     1     8     2    10
 -5.0355373685038296E-01 a       971     1     8     2    11
  9.5352020962118966E-01 a       972     1     8     2    12
  6.2125376090195424E-02 a       973     1     8     2    13
 -3.8010236372242305E+00 a       974     1     8     2    14
  4.0629527114461474E-02 a       975     1     8     2    15
 -1.7844058660091250E-01 a       976     1     8     2    16
  5.7889646333350020E-01 a       977     1     8     2    17
 -5.7065234833332246E-01 a       978     1     8     2    18
  1.7251780306219895E+00 a       979     1     8     2    19
  1.9243539571408379E+00 a       980     1     8     2    20
 -4.8780241482328519E-02 a       981     1     8     2    21
  1.8218068803722991E+00 a       982     1     8     2    22
  2.0989249460854223E-01 a       983     1     8     2    23
 -4.6957113294661362E-01 a       984     1     8     2    24
 -3.8172571730318949E-01 a       985     1     9     2     1
  3.0514590657340128E+00 a       986     1     9     2     2
 -1.0011102632065565E+00 a       987     1     9     2     3
 -5.1594965156891270E-02 a       988     1     9     2     4
 -4.6503981373263470E-01 a       989     1     9     2     5
 -3.6016981948817289E-01 a       990     1     9     2     6
 -1.8845314984959599E-01 a       991     1     9     2     7
 -3.6484704952182212E-01 a       992     1     9     2     8
  6.6821223422173748E-01 a       993     1     9     2     9
 -2.2514012223264523E+00 a       994     1     9     2    10
 -6.5654264168023585E-02 a       995     1     9     2    11
  1.5768053737162481E-02 a       996     1     9     2    12
  3.8649999544596465E+00 a       997     1     9     2    13
 -9.2713777809727060E-02 a       998     1     9     2    14
  6.8456467634930837E-02 a       999     1     9     2    15
 -1.1327668162573214E-01 a      1000     1     9     2    16
  8.6339416634644039E-01 a      1001     1     9     2    17
  4.8294483619465745E-01 a      1002     1     9     2    18
  1.4014487788961158E-01 a      1003     1     9     2    19
 -5.6676886051899378E-01 a      1004     1     9     2    20
  5.3242863619316516E-01 a      1005     1     9     2    21
  2.0833209521276239E+00 a      1006     1     9     2    22
 -7.1629054401329806E-01 a      1007     1     9     2    23
 -7.7051276523441667E-02 a      1008     1     9     2    24
  7.8743386363057100E-01 a      1009     1    10     2     1
  2.5036399606968414E+00 a      1010     1    10     2     2
  8.0062036782593315E-01 a      1011     1    10     2     3
 -1.1622694182378894E+00 a      1012     1    10     2     4
  1.5462096408136591E-01 a      1013     1    10     2     5
 -1.2232349548590478E+00 a      1014     1    10     2     6
 -6.1553778471347731E-01 a      1015     1    10     2     7
  5.0750733564654060E-01 a      1016     1    10     2     8
  1.2977964268751616E+00 a      1017     1    10     2     9
  2.3038048204748196E-01 a      1018     1    10     2    10
 -1.4897729287329657E+00 a      1019     1    10     2    11
  6.8390680308105120E-02 a      1020     1    10     2    12
 -5.4560644600463792E-01 a      1021     1    10     2    13
 -1.3980499033628517E+00 a      1022     1    10     2    14
 -3.0781396835068403E-01 a      1023     1    10     2    15
 -1.2835478439348136E+00 a      1024     1    10     2    16
  2.1806262506699663E+00 a      1025     1    10     2    17
 -6.1317176141946705E-02 a      1026     1    10     2    18
 -6.8689466984122083E-01 a      1027     1    10     2    19
  2.2086462576318033E+00 a      1028     1    10     2    20
 -1.3877548006609206E+00 a      1029     1    10     2    21
 -2.7565006838784678E-01 a      1030     1    10     2    22
 -1.2786101942280681E-01 a      1031     1    10     2    23
  2.4765697025680722E+00 a      1032     1    10     2    24
  1.9378179023902027E+00 a      1033     1    11     2     1
 -3.5092652162212756E+00 a      1034     1    11     2     2
  2.0325458235042251E+00 a      1035     1    11     2     3
  3.9222649466491860E-01 a      1036     1    11     2     4
  1.0059136746851423E+00 a      1037     1    11     2     5
 -8.0226621890976546E-01 a      1038     1    11     2     6
  1.6828759658010122E+00 a      1039     1    11     2     7
  9.0773966867340561E-01 a      1040     1    11     2     8
  5.2453936239779131E-01 a      1041     1    11     2     9
 -6.6313806742394765E-01 a      1042     1    11     2    10
  1.1189663779974606E+00 a      1043     1    11     2    11
 -8.7537082810044731E-01 a      1044     1    11     2    12
 -6.7696291653429697E-01 a      1045     1    11     2    13
 -1.0564235641472790E+00 a      1046     1    11     2    14
  7.9114056650639600E-02 a      1047     1    11     2    15
 -4.4639918382739441E-01 a      1048     1    11     2    16
  4.4368051120443119E-01 a      1049     1    11     2    17
  1.1497645251171367E+00 a      1050     1    11     2    18
 -1.8324710723650242E+00 a      1051     1    11     2    19
 -3.8567387464874821E+00 a      1052     1    11     2    20
 -2.1885585347322714E+00 a      1053     1    11     2    21
 -3.9459265289543584E-03 a      1054     1    11     2    22
 -2.4794363586535981E+00 a      1055     1    11     2    23
  6.0277521175682169E-01 a      1056     1    11     2    24
 -1.4978231109863598E+00 a      1057     1    12     2     1
  1.8552335913086517E+00 a      1058     1    12     2     2
 -3.8969413592879332E-01 a      1059     1    12     2     3
  1.8657125839937816E-01 a      1060     1    12     2     4
  2.3447860773400278E+00 a      1061     1    12     2     5
  6.0272704229529295E-02 a      1062     1    12     2     6
  1.3830564834182244E+00 a      1063     1    12     2     7
 -8.6163196468972703E-01 a      1064     1    12     2     8
 -1.2703623650614082E+00 a      1065     1    12     2     9
 -7.2965828958286227E-01 a      1066     1    12     2    10
  9.8454951687317563E-02 a      1067     1    12     2    11
  4.7274131159065630E-01 a      1068     1    12     2    12
  1.0611189863409909E+00 a      1069     1    12     2    13
  3.4615166676574640E+00 a      1070     1    12     2    14
  9.0548661854920354E-01 a      1071     1    12     2    15
  1.6730559883278204E+00 a      1072     1    12     2    16
 -4.8819032145452046E-01 a      1073     1    12     2    17
  4.4644252798010792E-01 a      1074     1    12     2    18
 -7.4307717577182097E-01 a      1075     1    12     2    19
  5.1314076676209808E-01 a      1076     1    12     2    20
  2.2683386686945692E-01 a      1077     1    12     2    21
 -2.4463282604431719E-01 a      1078     1    12     2    22
 -2.1322263483565482E+00 a      1079     1    12     2    23
  3.6243950794043342E-02 a      1080     1    12     2    24
 -7.6699483306669713E-01 a      1081     1    13     2     1
 -1.7578349026380098E+00 a      1082     1    13     2     2
  5.8979152319062811E-01 a      1083     1    13     2     3
  5.1743740710731001E-01 a      1084     1    13     2     4
 -1.6176911657266877E+00 a      1085     1    13     2     5
  1.5281404987788039E+00 a      1086     1    13     2     6
 -2.5738259619953472E+00 a      1087     1    13     2     7
  4.1798903645146396E-01 a      1088     1    13     2     8
 -3.2088149252541456E-02 a      1089     1    13     2     9
 -4.5919040814793091E+00 a      1090     1    13     2    10
  1.4964745625215961E+00 a      1091     1    13     2    11
 -4.2628607526174793E+00 a      1092     1    13     2    12
  7.1857481816469426E-01 a      1093     1    13     2    13
  2.3916984146547913E+00 a      1094     1    13     2    14
 -3.6426942165309611E-01 a      1095     1    13     2    15
 -1.6470925551669739E+00 a      1096     1    13     2    16
  2.1410355372348710E-02 a      1097     1    13     2    17
 -1.7760399260800934E+00 a      1098     1    13     2    18
 -5.4516793865281812E-02 a      1099     1    13     2    19
  9.5893388391736767E-01 a      1100     1    13     2    20
  2.2517784341230729E+00 a      1101     1    13     2    21
  4.5027328182404225E-01 a      1102     1    13     2    22
  1.4210608901202390E-01 a      1103     1    13     2    23
 -1.6095651118983378E-01 a      1104     1    13     2    24
  1.1167360211318751E+00 a      1105     1    14     2     1
 -2.6835472473378608E+00 a      1106     1    14     2     2
 -1.4142623319363983E+00 a      1107     1    14     2     3
  8.3001487980292543E-01 a      1108     1    14     2     4
  1.1922040360719437E-01 a      1109     1    14     2     5
  5.4009649613027422E-01 a      1110     1    14     2     6
 -2.5157784211968226E-01 a      1111     1    14     2     7
 -4.4949495105631215E-01 a      1112     1    14     2     8
  1.7090236786196507E+00 a      1113     1    14     2     9
 -1.5457616598739279E+00 a      1114     1    14     2    10
 -5.2636396694673585E-02 a      1115     1    14     2    11
  3.4572822330319841E+00 a      1116     1    14     2    12
 -3.1194094181179333E+00 a      1117     1    14     2    13
 -1.4213625593648003E+00 a      1118     1    14     2    14
  6.2188006151670117E-01 a      1119     1    14     2    15
  1.4578540230094775E-01 a      1120     1    14     2    16
 -5.2136170461544618E-01 a      1121     1    14     2    17
 -2.0444524627284277E+00 a      1122     1    14     2    18
 -6.7622652216675916E-01 a      1123     1    14     2    19
  3.1879263401300566E+00 a      1124     1    14     2    20
  1.2028010485965497E+00 a      1125     1    14     2    21
  6.9278029069985414E-01 a      1126     1    14     2    22
 -1.7236948732709227E+00 a      1127     1    14     2    23
 -2.9869005377301088E+00 a      1128     1    14     2    24
  3.8805928714450338E-01 a      1129     1    15     2     1
 -4.0679716234698464E+00 a      1130     1    15     2     2
 -3.7171895866882465E-01 a      1131     1    15     2     3
  3.9609104408333479E-01 a      1132     1    15     2     4
 -4.5908764829169213E-01 a      1133     1    15     2     5
  1.1686222851446750E+00 a      1134     1    15     2     6
 -2.4777801575746139E+00 a      1135     1    15     2     7
 -9.4847042572264140E-01 a      1136     1    15     2     8
  7.5059619342672568E-01 a      1137     1    15     2     9
 -6.8243703795506407E+00 a      1138     1    15     2    10
  1.1546102745014228E+00 a      1139     1    15     2    11
  8.3579929606201997E-01 a      1140     1    15     2    12
 -1.0398861638860535E+00 a      1141     1    15     2    13
  1.0937153363096286E+00 a      1142     1    15     2    14
  2.2221227187360765E-01 a      1143     1    15     2    15
  5.1540587528110493E-01 a      1144     1    15     2    16
  1.7148739900762633E-01 a      1145     1    15     2    17
  1.9119047406694614E+00 a      1146     1    15     2    18
 -6.1122045477678055E-03 a      1147     1    15     2    19
  3.7090668364820161E+00 a      1148     1    15     2    20
 -2.5153928387402363E-01 a      1149     1    15     2    21
  1.7250461152499263E+00 a      1150     1    15     2    22
 -6.7925608819053840E-01 a      1151     1    15     2    23
 -3.2742524211588111E+00 a      1152     1    15     2    24
  2.2103414578253539E-01 a      1153     1    16     2     1
  1.9103785951668604E+00 a      1154     1    16     2     2
  8.2762675643301220E-01 a      1155     1    16     2     3
 -2.2484345160976185E-01 a      1156     1    16     2     4
  1.6330251448806224E-01 a      1157     1    16     2     5
  7.6038476553639467E-01 a      1158     1    16     2     6
 -1.2219514433360315E+00 a      1159     1    16     2     7
 -2.0195549754788301E-02 a      1160     1    16     2     8
 -1.5973956975738037E+00 a      1161     1    16     2     9
 -1.0428186848826801E+00 a      1162     1    16     2    10
  6.3978699570852637E-01 a      1163     1    16     2    11
  2.6610246298913949E+00 a      1164     1    16     2    12
  1.3969138981802758E+00 a      1165     1    16     2    13
  1.7045907569148389E-01 a      1166     1    16     2    14
 -1.7972296643925745E-01 a      1167     1    16     2    15
  3.7422363911419393E-01 a      1168     1    16     2    16
 -2.3704060207035582E-01 a      1169     1    16     2    17
 -4.3827161130794073E-01 a      1170     1    16     2    18
  1.9808574909314756E+00 a      1171     1    16     2    19
  1.6928629718242311E-01 a      1172     1    16     2    20
  1.1194849150975072E-01 a      1173     1    16     2    21
  3.0106121188591078E-01 a      1174     1    16     2    22
  2.1490920406322269E+00 a      1175     1    16     2    23
 -1.3395032326729364E+00 a      1176     1    16     2    24
 -1.7318102681389633E+00 a      1177     1    17     2     1
  1.9463558707834179E+00 a      1178     1    17     2     2
  4.2595801419445584E-01 a      1179     1    17     2     3
 -1.5125114882550823E+00 a      1180     1    17     2     4
  6.4444021824516207E-01 a      1181     1    17     2     5
  3.3142341326136859E-01 a      1182     1    17     2     6
  4.0022323810310600E-01 a      1183     1    17     2     7
  8.2441504770159102E-01 a      1184     1    17     2     8
  6.4933694727298952E-01 a      1185     1    17     2     9
 -1.4588707898444608E+00 a      1186     1    17     2    10
 -1.1235827239904099E+00 a      1187     1    17     2    11
 -4.2942665335139063E+00 a      1188     1    17     2    12
 -1.9779742814063208E+00 a      1189     1    17     2    13
  3.3976734812074265E+00 a      1190     1    17     2    14
  3.3572591737420993E-01 a      1191     1    17     2    15
 -1.3538806951365678E+00 a      1192     1    17     2    16
  7.9447766692214494E-01 a      1193     1    17     2    17
  4.6663094541819616E-01 a      1194     1    17     2    18
 -2.8805786228358214E+00 a      1195     1    17     2    19
 -2.1128582355738967E-01 a      1196     1    17     2    20
 -8.6700743440425299E-01 a      1197     1    17     2    21
 -9.0740431015206902E-02 a      1198     1    17     2    22
  6.1841991923923456E-01 a      1199     1    17     2    23
  4.3923126275023581E+00 a      1200     1    17     2    24
 -1.1897380843140140E+00 a      1201     1    18     2     1
 -2.2221558060340185E+00 a      1202     1    18     2     2
 -8.2473956879319488E-01 a      1203     1    18     2     3
 -4.3056288148893512E-01 a      1204     1    18     2     4
 -1.6764138144302418E-01 a      1205     1    18     2     5
 -3.8213599365635081E-01 a      1206     1    18     2     6
  1.4040532575701517E-01 a      1207     1    18     2     7
 -3.9422347878431951E-01 a      1208     1    18     2     8
 -1.3165263271125124E-01 a      1209     1    18     2     9
 -2.2534351706668470E+00 a      1210     1    18     2    10
 -5.5012045306255968E-02 a      1211     1    18     2    11
 -1.5657440028151264E+00 a      1212     1    18     2    12
 -9.0312696656757485E-01 a      1213     1    18     2    13
  1.7315089735467091E+00 a      1214     1    18     2    14
  4.3123552704486856E-01 a      1215     1    18     2    15
  1.0269522009423682E+00 a      1216     1    18     2    16
  9.0308976691639509E-02 a      1217     1    18     2    17
  6.3325213650194956E-01 a      1218     1    18     2    18
  1.3005780978045253E-01 a      1219     1    18     2    19
  3.0096376893668825E-01 a      1220     1    18     2    20
  5.7758245004750127E-03 a      1221     1    18     2    21
  7.8049436561755992E-01 a      1222     1    18     2    22
  8.8378791416840741E-01 a      1223     1    18     2    23
  1.1719831482415731E-02 a      1224     1    18     2    24
 -7.4783385291828453E-01 a      1225     1    19     2     1
 -3.5616499286600689E+00 a      1226     1    19     2     2
  4.5867581465586521E-01 a      1227     1    19     2     3
  7.4702021321835088E-01 a      1228     1    19     2     4
  1.0317156075464953E+00 a      1229     1    19     2     5
 -4.0209225046874775E-01 a      1230     1    19     2     6
  5.5723493609896191E-01 a      1231     1    19     2     7
 -1.4006173753634274E-01 a      1232     1    19     2     8
  1.3285322408720437E-01 a      1233     1    19     2     9
  1.0029484541108882E+00 a      1234     1    19     2    10
  9.6227358865673784E-01 a      1235     1    19     2    11
  2.3833015213949720E+00 a      1236     1    19     2    12
  8.9638596026575864E-03 a      1237     1    19     2    13
 -2.0441074413647842E+00 a      1238     1    19     2    14
 -7.4291327863961609E-01 a      1239     1    19     2    15
 -5.1737264633756952E-01 a      1240     1    19     2    16
 -1.5406893252226861E+00 a      1241     1    19     2    17
 -2.0059531080995687E+00 a      1242     1    19     2    18
  4.7189069349903168E-01 a      1243     1    19     2    19
 -2.1390036630137846E-01 a      1244     1    19     2    20
  9.6231806198623182E-01 a      1245     1    19     2    21
  1.4112032802658525E+00 a      1246     1    19     2    22
  2.3259956953405525E-01 a      1247     1    19     2    23
 -1.7791968589588631E+00 a      1248     1    19     2    24
 -3.9362094630878702E-01 a      1249     1    20     2     1
  1.3019002782905484E+00 a      1250     1    20     2     2
  1.7865504014684168E+00 a      1251     1    20     2     3
 -9.5870498057838716E-01 a      1252     1    20     2     4
  3.4535356467496225E-01 a      1253     1    20     2     5
 -4.7115410548709075E-01 a      1254     1    20     2     6
 -9.5014265323916158E-02 a      1255     1    20     2     7
 -7.9413707988801718E-01 a      1256     1    20     2     8
  1.0767162094157205E+00 a      1257     1    20     2     9
  5.8219395046600753E-01 a      1258     1    20     2    10
  4.9529573714389363E-01 a      1259     1    20     2    11
 -1.9319814082955007E+00 a      1260     1    20     2    12
 -3.1066096934503205E+00 a      1261     1    20     2    13
 -1.2020128879360683E+00 a      1262     1    20     2    14
 -1.8647425612613697E-01 a      1263     1    20     2    15
 -2.0361173138597199E+00 a      1264     1    20     2    16
  9.5206200162850674E-01 a      1265     1    20     2    17
 -1.0758291913897531E+00 a      1266     1    20     2    18
  1.5402700527195110E+00 a      1267     1    20     2    19
  7.4505534291228259E-01 a      1268     1    20     2    20
  5.3366946165303131E-01 a      1269     1    20     2    21
  3.3544522099802648E-01 a      1270     1    20     2    22
  1.3590787141806870E+00 a      1271     1    20     2    23
  2.9527017022212050E+00 a      1272     1    20     2    24
  7.0480508773267214E-01 a      1273     1    21     2     1
 -1.7976118903110856E+00 a      1274     1    21     2     2
  3.8760991503998193E-01 a      1275     1    21     2     3
 -2.8952166371694360E-01 a      1276     1    21     2     4
  2.8215828888497813E-01 a      1277     1    21     2     5
  2.9944580415662152E-02 a      1278     1    21     2     6
  2.7530221403408394E-02 a      1279     1    21     2     7
  2.7880317271811000E-01 a      1280     1    21     2     8
 -3.6435607000578646E-01 a      1281     1    21     2     9
 -1.0493410151245186E+00 a      1282     1    21     2    10
  4.5279820387913550E-01 a      1283     1    21     2    11
 -2.6184998273187059E+00 a      1284     1    21     2    12
  2.4510606538938844E+00 a      1285     1    21     2    13
 -4.0860030572137440E-01 a      1286     1    21     2    14
  5.3709619770079930E-01 a      1287     1    21     2    15
 -1.7984209187423012E-02 a      1288     1    21     2    16
  1.3580137709234648E+00 a      1289     1    21     2    17
  2.3731467068498491E-01 a      1290     1    21     2    18
 -5.2414477614353250E-01 a      1291     1    21     2    19
  3.3499126470897694E-01 a      1292     1    21     2    20
 -2.2303256411748962E-01 a      1293     1    21     2    21
  6.2770057397085299E-01 a      1294     1    21     2    22
  4.1486858782123248E-01 a      1295     1    21     2    23
 -6.8425927200912084E-01 a      1296     1    21     2    24
  1.2373990764480933E+00 a      1297     1    22     2     1
  5.0374343470234120E+00 a      1298     1    22     2     2
 -1.7660784218415586E+00 a      1299     1    22     2     3
  1.3105452256783154E+00 a      1300     1    22     2     4
  8.3979304538963073E-01 a      1301     1    22     2     5
 -8.8128530782476977E-01 a      1302     1    22     2     6
 -1.1518742374223780E+00 a      1303     1    22     2     7
  1.1013340063182513E+00 a      1304     1    22     2     8
 -4.6085930698531780E-01 a      1305     1    22     2     9
 -6.8367205724257729E-01 a      1306     1    22     2    10
 -1.4751215354850533E+00 a      1307     1    22     2    11
  1.6020847162063725E+00 a      1308     1    22     2    12
  7.5440341346714535E+00 a      1309     1    22     2    13
  4.3692457982115740E-01 a      1310     1    22     2    14
 -1.5465178519878320E+00 a      1311     1    22     2    15
  3.2953723692185932E-01 a      1312     1    22     2    16
 -6.5306536155251182E-01 a      1313     1    22     2    17
  1.6081202354923048E+00 a      1314     1    22     2    18
 -2.9032888863096157E-01 a      1315     1    22     2    19
 -2.2014209540477974E+00 a      1316     1    22     2    20
 -1.8932121432477369E+00 a      1317     1    22     2    21
 -1.8394925530770274E+00 a      1318     1    22     2    22
  3.5562426999534280E-01 a      1319     1    22     2    23
 -7.2834751491285921E-01 a      1320     1    22     2    24
 -1.5300256048057668E+00 a      1321     1    23     2     1
  2.4452400637231567E-01 a      1322     1    23     2     2
  1.7109316761085822E-01 a      1323     1    23     2     3
 -6.6063520100822093E-01 a      1324     1    23     2     4
  2.7520761918155379E-01 a      1325     1    23     2     5
  1.5619317012738281E+00 a      1326     1    23     2     6
  1.4825676972683970E+00 a      1327     1    23     2     7
 -1.4699788273992478E+00 a      1328     1    23     2     8
  1.3168317435399113E-01 a      1329     1    23     2     9
 -1.4528352172599324E+00 a      1330     1    23     2    10
  1.5532886786930900E+00 a      1331     1    23     2    11
  7.3705174337630464E-01 a      1332     1    23     2    12
 -1.1558691797699427E+00 a      1333     1    23     2    13
  2.7122121162889568E+00 a      1334     1    23     2    14
 -5.1552415492391812E-01 a      1335     1    23     2    15
  4.6591938210792111E-01 a      1336     1    23     2    16
 -1.2673404162160458E+00 a      1337     1    23     2    17
 -7.0468036511851284E-01 a      1338     1    23     2    18
  7.4093012238631495E-01 a      1339     1    23     2    19
  2.5620257938081044E+00 a      1340     1    23     2    20
  9.0830419985868194E-01 a      1341     1    23     2    21
  1.9611541818207163E+00 a      1342     1    23     2    22
 -2.8517814939633155E+00 a      1343     1    23     2    23
 -2.2162744433061201E+00 a      1344     1    23     2    24
 -8.8994542979992108E-01 a      1345     1    24     2     1
 -1.9506679842471157E+00 a      1346     1    24     2     2
  2.0949533707097494E+00 a      1347     1    24     2     3
 -6.0368835261516596E-01 a      1348     1    24     2     4
  4.6524688873287673E-01 a      1349     1    24     2     5
  1.1649987789226548E+00 a      1350     1    24     2     6
 -1.3083206894715378E+00 a      1351     1    24     2     7
  1.9677244804455077E-01 a      1352     1    24     2     8
 -1.5927692868351020E+00 a      1353     1    24     2     9
 -1.7675061832609893E+00 a      1354     1    24     2    10
  4.9750290873393205E-01 a      1355     1    24     2    11
 -3.0915160942779836E+00 a      1356     1    24     2    12
  3.2500995540030431E+00 a      1357     1    24     2    13
 -3.4738704324938396E+00 a      1358     1    24     2    14
  2.9385594101434487E-01 a      1359     1    24     2    15
  3.0173667502336293E-01 a      1360     1    24     2    16
  3.1061487151805939E-01 a      1361     1    24     2    17
  2.4232740157600778E+00 a      1362     1    24     2    18
  2.9853074008481589E-01 a      1363     1    24     2    19
  4.3263848897624468E-01 a      1364     1    24     2    20
 -1.9885948365311292E+00 a      1365     1    24     2    21
 -1.3908603922638609E+00 a      1366     1    24     2    22
  1.6396605632583097E+00 a      1367     1    24     2    23
  2.7365796079964921E+00 a      1368     1    24     2    24
  1.1520797227614816E+00 b      1369     2     1
 -9.9745879509214119E-01 b      1370     2     2
 -1.3725538550502787E+00 b      1371     2     3
  2.6176410548313638E+00 b      1372     2     4
 -9.1795874855383275E-01 b      1373     2     5
 -1.4213800737172002E+00 b      1374     2     6
  3.5801806677833392E-01 b      1375     2     7
  1.8683659961924570E+00 b      1376     2     8
 -2.7066601110083716E-01 b      1377     2     9
  8.7423116776954846E+00 b      1378     2    10
 -2.8911217763779233E+00 b      1379     2    11
  1.1741150785187522E+00 b      1380     2    12
  7.1655309292369174E-01 b      1381     2    13
 -6.5329550267116288E-01 b      1382     2    14
  5.4771116082810678E-01 b      1383     2    15
  1.6210517300108362E+00 b      1384     2    16
  4.0159040753214248E-02 b      1385     2    17
 -2.3220117829820666E-01 b      1386     2    18
 -3.3307304943040466E+00 b      1387     2    19
 -7.2119274722474591E-01 b      1388     2    20
  1.9452499712028972E+00 b      1389     2    21
 -3.2915795443837967E+00 b      1390     2    22
  1.2450610350055611E+00 b      1391     2    23
 -5.0318179161856031E+00 b      1392     2    24
  2.0456791814561845E-01 a      1393     2     1     3     1
 -3.9203221676802595E-04 a      1394     2     2     3     1
  1.2061169950271099E-01 a      1395     2     3     3     1
  7.1965857189190496E-01 a      1396     2     4     3     1
 -3.2697363699671389E-01 a      1397     2     5     3     1
 -3.1747246695035186E-01 a      1398     2     6     3     1
  2.7712456845596600E-01 a      1399     2     7     3     1
  8.5493122781841258E-01 a      1400     2     8     3     1
 -5.0290427814418603E-01 a      1401     2     9     3     1
 -5.3856318503975642E-01 a      1402     2    10     3     1
 -4.8852860985596269E-01 a      1403     2    11     3     1
  5.2955293015955376E-02 a      1404     2    12     3     1
 -2.9656488225816482E-02 a      1405     2    13     3     1
  1.9486286105132485E-02 a      1406     2    14     3     1
  3.2359517203373384E-01 a      1407     2    15     3     1
 -6.0286603676949457E-01 a      1408     2    16     3     1
 -4.2244995396166263E-01 a      1409     2    17     3     1
  4.1734801215143819E-01 a      1410     2    18     3     1
  2.5321883214769414E-01 a      1411     2    19     3     1
  1.1350538942805598E-01 a      1412     2    20     3     1
 -2.8276564420650924E-01 a      1413     2    21     3     1
  3.4523929781267970E-01 a      1414     2    22     3     1
  1.2124733625146500E-01 a      1415     2    23     3     1
  4.9584678098777996E-01 a      1416     2    24     3     1
 -1.0471108794346944E-01 b      1417     3     1
