################################################################################
# Neural network connection values (weights and biases).
################################################################################
# Col  Name       Description
################################################################################
# 1    connection Neural network connection value.
# 2    t          Connection type (a = weight, b = bias).
# 3    index      Index enumerating weights.
# 4    l_s        Starting point layer (end point layer for biases).
# 5    n_s        Starting point neuron in starting layer (end point neuron for biases).
# 6    l_e        End point layer.
# 7    n_e        End point neuron in end layer.
################################################################################
#                      1 2         3     4     5     6     7
#             connection t     index   l_s   n_s   l_e   n_e
############################################################
 -2.3612548895403493E-01 a         1     0     1     1     1
 -1.3646312759340711E+00 a         2     0     1     1     2
 -2.0888866795219978E+00 a         3     0     1     1     3
  2.0412917808199467E+00 a         4     0     1     1     4
  9.9225592388800166E-01 a         5     0     1     1     5
  3.0850821526502754E+00 a         6     0     1     1     6
 -7.2244206939733246E-01 a         7     0     1     1     7
 -3.4088853022519090E+00 a         8     0     1     1     8
  5.4511512272223390E+00 a         9     0     1     1     9
 -1.4614261612934845E-01 a        10     0     1     1    10
  1.0520120091425202E+00 a        11     0     1     1    11
 -6.1122471367154796E-01 a        12     0     1     1    12
  2.5821096426224055E-01 a        13     0     1     1    13
  3.3085808012402795E-01 a        14     0     1     1    14
  1.2045241646095020E+00 a        15     0     1     1    15
  1.0457479369725775E+00 a        16     0     1     1    16
  2.8261534647623852E+00 a        17     0     1     1    17
 -5.5554912586789662E+00 a        18     0     1     1    18
  2.8537434403170465E+00 a        19     0     1     1    19
  1.6509952653299378E+00 a        20     0     1     1    20
  2.4970198669133810E+00 a        21     0     1     1    21
 -8.4360134197660391E-02 a        22     0     1     1    22
 -1.8425333571656957E+00 a        23     0     1     1    23
 -1.5411644215259865E+00 a        24     0     1     1    24
  2.0468763173806779E+00 a        25     0     2     1     1
 -2.5522186530223867E-01 a        26     0     2     1     2
  5.3592725438778430E+00 a        27     0     2     1     3
 -3.0848793068041456E+00 a        28     0     2     1     4
  7.3393793713544166E+00 a        29     0     2     1     5
 -7.1312683371797050E+00 a        30     0     2     1     6
  5.3867312382446766E+00 a        31     0     2     1     7
  1.0381388788447770E+00 a        32     0     2     1     8
  3.0052644650407667E+00 a        33     0     2     1     9
  4.3515773256456196E+00 a        34     0     2     1    10
  1.1805412315576074E+00 a        35     0     2     1    11
 -1.4049509900423920E+00 a        36     0     2     1    12
  5.0838916265012002E-01 a        37     0     2     1    13
 -1.7816866446309425E+00 a        38     0     2     1    14
  2.7953945939582505E+00 a        39     0     2     1    15
 -1.8551627286152981E+00 a        40     0     2     1    16
 -1.0688010268204790E+01 a        41     0     2     1    17
 -2.0757998471226551E+00 a        42     0     2     1    18
 -7.9144597996193404E+00 a        43     0     2     1    19
  1.9686524901905975E+00 a        44     0     2     1    20
 -2.5324484959497116E+00 a        45     0     2     1    21
 -9.1537135192426309E+00 a        46     0     2     1    22
 -3.0977483052080927E+00 a        47     0     2     1    23
  3.3891136224566623E+00 a        48     0     2     1    24
  3.0186543207804086E+00 a        49     0     3     1     1
 -2.6042373309955913E+00 a        50     0     3     1     2
  5.8634352155144862E+00 a        51     0     3     1     3
  2.9230651296342818E+00 a        52     0     3     1     4
 -1.7164460125925973E+00 a        53     0     3     1     5
  7.1719067396262250E+00 a        54     0     3     1     6
  3.0812533704826159E+00 a        55     0     3     1     7
 -8.3322750336868783E+00 a        56     0     3     1     8
 -8.6751058807716497E-02 a        57     0     3     1     9
  8.3545576979830045E+00 a        58     0     3     1    10
  1.3185258855117785E+00 a        59     0     3     1    11
 -6.6939052168547022E+00 a        60     0     3     1    12
  2.8599855867430177E+00 a        61     0     3     1    13
 -7.0503527812606128E+00 a        62     0     3     1    14
  9.7906900121967178E-01 a        63     0     3     1    15
 -3.0158708622445247E+00 a        64     0     3     1    16
 -1.7826443862703438E+00 a        65     0     3     1    17
 -1.0955650742476898E+01 a        66     0     3     1    18
 -3.0016895166824598E+00 a        67     0     3     1    19
  6.8623635251444393E-01 a        68     0     3     1    20
 -2.2198896735267502E+00 a        69     0     3     1    21
 -7.0288916534519581E+00 a        70     0     3     1    22
 -8.1879191068680637E+00 a        71     0     3     1    23
 -2.5577997055784856E+00 a        72     0     3     1    24
 -2.5082466242519810E+00 a        73     0     4     1     1
  5.8247981244553015E-01 a        74     0     4     1     2
 -7.2641221134921601E+00 a        75     0     4     1     3
  3.9788118084352271E+00 a        76     0     4     1     4
 -7.9600071930902674E+00 a        77     0     4     1     5
  7.9332221926297937E+00 a        78     0     4     1     6
 -4.4817736335632938E+00 a        79     0     4     1     7
 -1.5733378997242968E+00 a        80     0     4     1     8
 -3.1868030511835799E+00 a        81     0     4     1     9
 -2.3939207631130603E+00 a        82     0     4     1    10
 -2.8165798167091118E+00 a        83     0     4     1    11
  1.3291935045225030E+00 a        84     0     4     1    12
  2.4986656394281330E+00 a        85     0     4     1    13
  2.8367972762271620E-01 a        86     0     4     1    14
 -5.0987590083492718E+00 a        87     0     4     1    15
 -2.4898005957744234E+00 a        88     0     4     1    16
  1.0306963669927171E+01 a        89     0     4     1    17
  1.1361616876206251E+00 a        90     0     4     1    18
  4.7525679758812887E+00 a        91     0     4     1    19
 -3.8308750721136375E-01 a        92     0     4     1    20
 -1.3516882105350461E-01 a        93     0     4     1    21
  8.5493054062835103E+00 a        94     0     4     1    22
  4.2398855512820344E+00 a        95     0     4     1    23
 -2.5430518569031029E+00 a        96     0     4     1    24
 -7.5308854101779310E-01 a        97     0     5     1     1
  7.7275051007322872E+00 a        98     0     5     1     2
 -5.1736352953224012E+00 a        99     0     5     1     3
 -3.2839706616673707E+00 a       100     0     5     1     4
  2.5929022873439267E-01 a       101     0     5     1     5
 -1.1037084276234754E+01 a       102     0     5     1     6
 -1.0138506285382483E+00 a       103     0     5     1     7
 -5.9011874102854578E-01 a       104     0     5     1     8
  2.1663672031949077E+00 a       105     0     5     1     9
 -3.6869547302451484E+00 a       106     0     5     1    10
 -2.6599522429244917E+00 a       107     0     5     1    11
  1.1895707319485272E+01 a       108     0     5     1    12
 -3.5981469960795502E+00 a       109     0     5     1    13
  1.5792144019174026E+01 a       110     0     5     1    14
  2.0073600873773909E+00 a       111     0     5     1    15
  3.5605829126051107E+00 a       112     0     5     1    16
  2.0061700062234396E+00 a       113     0     5     1    17
  3.8520283317005797E+00 a       114     0     5     1    18
 -1.0511402277671180E+00 a       115     0     5     1    19
  1.0436216082278174E+00 a       116     0     5     1    20
  6.2374944415304450E+00 a       117     0     5     1    21
  7.8354400975202649E+00 a       118     0     5     1    22
  8.0008354414470961E+00 a       119     0     5     1    23
 -1.3945957520959620E+00 a       120     0     5     1    24
 -2.2099149064964074E-01 a       121     0     6     1     1
  9.1667750303742668E-01 a       122     0     6     1     2
  2.5903559025974472E+00 a       123     0     6     1     3
 -9.9035190951247309E-01 a       124     0     6     1     4
 -8.7526887521328034E-01 a       125     0     6     1     5
 -8.1638463929626603E-01 a       126     0     6     1     6
 -8.5046046763824867E-01 a       127     0     6     1     7
  2.6390235308273025E+00 a       128     0     6     1     8
 -6.6029195073261926E+00 a       129     0     6     1     9
  1.2925289653292189E+00 a       130     0     6     1    10
 -3.1084404742887375E+00 a       131     0     6     1    11
 -1.1512184453455991E+00 a       132     0     6     1    12
  1.7115492917763893E+00 a       133     0     6     1    13
 -4.9867439002597080E-01 a       134     0     6     1    14
  1.1408396461850565E+00 a       135     0     6     1    15
 -2.3984508657220700E+00 a       136     0     6     1    16
 -1.5950841995931815E+00 a       137     0     6     1    17
  5.3182569421738002E+00 a       138     0     6     1    18
 -5.3228561347652203E-01 a       139     0     6     1    19
  5.9041236558239141E-01 a       140     0     6     1    20
 -3.5282237919962109E+00 a       141     0     6     1    21
 -1.5895726056755322E+00 a       142     0     6     1    22
  3.3191425937479996E-01 a       143     0     6     1    23
  1.1822422971353990E+00 a       144     0     6     1    24
  3.2022474771164855E-01 a       145     0     7     1     1
 -5.6799132021422127E-01 a       146     0     7     1     2
  1.8554600812987849E+00 a       147     0     7     1     3
 -1.3407533517571542E+00 a       148     0     7     1     4
  1.4165303562447444E+00 a       149     0     7     1     5
 -1.0335071661751956E+00 a       150     0     7     1     6
  8.1279528490787545E-01 a       151     0     7     1     7
  1.6216829160002821E+00 a       152     0     7     1     8
 -1.0736062600709215E+00 a       153     0     7     1     9
  3.5561239527402383E-01 a       154     0     7     1    10
  7.0038807077207421E-01 a       155     0     7     1    11
 -9.6202232442380298E-01 a       156     0     7     1    12
 -4.7280616769171385E-01 a       157     0     7     1    13
 -6.3426445112581631E-01 a       158     0     7     1    14
  1.7378968423824550E+00 a       159     0     7     1    15
  1.1241453502249767E+00 a       160     0     7     1    16
 -2.5573702760616945E+00 a       161     0     7     1    17
 -5.7339608642633821E-01 a       162     0     7     1    18
  8.0306108137011023E-01 a       163     0     7     1    19
  1.2252001401883737E-01 a       164     0     7     1    20
  4.0364963292639949E-01 a       165     0     7     1    21
 -2.4153775867939373E+00 a       166     0     7     1    22
 -1.1126554082688354E+00 a       167     0     7     1    23
 -2.9852599232669402E-01 a       168     0     7     1    24
 -6.1728910421775274E-01 a       169     0     8     1     1
 -2.3299882521622330E+00 a       170     0     8     1     2
  3.9429150064082080E-01 a       171     0     8     1     3
  8.3545724083364048E-01 a       172     0     8     1     4
 -8.4464098793341491E-01 a       173     0     8     1     5
  2.2099353345760799E+00 a       174     0     8     1     6
 -1.4756046179388855E+00 a       175     0     8     1     7
  3.7417332418742260E+00 a       176     0     8     1     8
 -1.8253990650700143E+00 a       177     0     8     1     9
 -1.0036182699668574E+00 a       178     0     8     1    10
  2.7516755064190376E-02 a       179     0     8     1    11
 -3.3694115392670168E+00 a       180     0     8     1    12
  6.6439535033981179E-01 a       181     0     8     1    13
 -4.7609200839336063E+00 a       182     0     8     1    14
 -2.5833733009883688E+00 a       183     0     8     1    15
 -6.3519022347920240E-01 a       184     0     8     1    16
 -1.7403770151995901E+00 a       185     0     8     1    17
  1.4740727882093558E+00 a       186     0     8     1    18
  8.9939325687064409E-01 a       187     0     8     1    19
 -2.3992765491647394E-01 a       188     0     8     1    20
 -2.7481122166443916E+00 a       189     0     8     1    21
 -2.1663804063350556E+00 a       190     0     8     1    22
 -1.1417861875905471E+00 a       191     0     8     1    23
  5.2601184137925960E-01 a       192     0     8     1    24
  7.9100499102996857E-01 a       193     0     9     1     1
  1.0903117794279095E-01 a       194     0     9     1     2
 -1.0779857257506786E+00 a       195     0     9     1     3
 -2.3261335154898727E-01 a       196     0     9     1     4
  5.1996536155670098E-02 a       197     0     9     1     5
 -3.0487195148577545E-01 a       198     0     9     1     6
  6.6968577210504654E-01 a       199     0     9     1     7
 -1.1137893037838842E+00 a       200     0     9     1     8
  3.0165933637211886E+00 a       201     0     9     1     9
 -4.8584175511871847E-01 a       202     0     9     1    10
  1.6306061385190302E+00 a       203     0     9     1    11
  1.1632733884294526E+00 a       204     0     9     1    12
 -1.2495526789313189E+00 a       205     0     9     1    13
  3.4879256475852644E-01 a       206     0     9     1    14
 -1.6316863332764378E+00 a       207     0     9     1    15
  1.0624808668860077E+00 a       208     0     9     1    16
  3.1825057617185376E-01 a       209     0     9     1    17
 -2.2046289199969338E+00 a       210     0     9     1    18
 -4.7852228689702631E-01 a       211     0     9     1    19
 -5.7763428819873686E-01 a       212     0     9     1    20
  1.9396454435929507E+00 a       213     0     9     1    21
  8.6119439873094816E-01 a       214     0     9     1    22
 -1.8882644063874277E-01 a       215     0     9     1    23
 -7.2177647879481199E-01 a       216     0     9     1    24
  8.7653381347515213E-01 a       217     0    10     1     1
  2.3412716998669354E+00 a       218     0    10     1     2
  3.2335859456280862E+00 a       219     0    10     1     3
  3.6995091450845488E+00 a       220     0    10     1     4
 -8.6835167651809009E-01 a       221     0    10     1     5
 -5.4424513089065334E+00 a       222     0    10     1     6
 -1.2940879556631204E+00 a       223     0    10     1     7
 -1.6197224632669158E+00 a       224     0    10     1     8
 -6.0040106497538916E+00 a       225     0    10     1     9
 -5.8814410339106402E+00 a       226     0    10     1    10
 -8.3453143722812939E-01 a       227     0    10     1    11
  7.8074019102898253E+00 a       228     0    10     1    12
 -3.5851145247302916E+00 a       229     0    10     1    13
  1.4323017578365733E+00 a       230     0    10     1    14
 -7.2075503100053140E-01 a       231     0    10     1    15
 -4.8378654845544350E-01 a       232     0    10     1    16
 -1.0726799742593158E+01 a       233     0    10     1    17
  4.2898089760183051E+00 a       234     0    10     1    18
 -4.9605932718670251E+00 a       235     0    10     1    19
 -4.9873627839870878E+00 a       236     0    10     1    20
 -3.6757021257797615E+00 a       237     0    10     1    21
  1.3629959515142527E+00 a       238     0    10     1    22
  2.1304611642424152E+00 a       239     0    10     1    23
 -4.9447113856898567E-01 a       240     0    10     1    24
 -1.1405894808285382E+00 a       241     0    11     1     1
  2.5143104690431484E+00 a       242     0    11     1     2
 -7.8398456671097339E-01 a       243     0    11     1     3
  1.8367394791171590E+00 a       244     0    11     1     4
 -3.9000777685692416E+00 a       245     0    11     1     5
  1.6741815633699579E+00 a       246     0    11     1     6
 -8.7227176755879423E+00 a       247     0    11     1     7
 -2.0864675931208869E+00 a       248     0    11     1     8
 -2.6021589248825978E+00 a       249     0    11     1     9
 -5.6091996159486106E+00 a       250     0    11     1    10
 -4.8056089998352691E+00 a       251     0    11     1    11
 -6.0623592819250427E-01 a       252     0    11     1    12
 -3.3430990230864728E+00 a       253     0    11     1    13
  3.2866693214409026E+00 a       254     0    11     1    14
  2.6406809784090397E+00 a       255     0    11     1    15
  2.0396184052840720E+00 a       256     0    11     1    16
  3.8130500437659121E-01 a       257     0    11     1    17
  3.4465191620535274E+00 a       258     0    11     1    18
  5.2025707859530899E+00 a       259     0    11     1    19
 -1.5822888427266146E+00 a       260     0    11     1    20
  5.0104780894101344E+00 a       261     0    11     1    21
 -5.6292014534315546E+00 a       262     0    11     1    22
 -3.0932941060371131E+00 a       263     0    11     1    23
 -5.0678503154162167E+00 a       264     0    11     1    24
 -4.5421405892236782E-01 a       265     0    12     1     1
 -5.0350559418400511E+00 a       266     0    12     1     2
 -1.9392324630790574E+00 a       267     0    12     1     3
 -6.5838773539315165E-01 a       268     0    12     1     4
  3.5273397505581889E+00 a       269     0    12     1     5
  1.2362120046241449E+00 a       270     0    12     1     6
 -4.2921224970082816E+00 a       271     0    12     1     7
  9.7752072772085192E+00 a       272     0    12     1     8
 -2.7485007220812054E+00 a       273     0    12     1     9
 -4.4614878546278147E+00 a       274     0    12     1    10
 -4.6258727757257240E-01 a       275     0    12     1    11
 -1.1632277316233244E+00 a       276     0    12     1    12
 -3.7712721265220195E-01 a       277     0    12     1    13
 -2.3807314114262188E+00 a       278     0    12     1    14
 -1.5532084269174840E+00 a       279     0    12     1    15
  1.8192406122724045E+00 a       280     0    12     1    16
  5.5031528033135224E+00 a       281     0    12     1    17
  1.2969199187714359E+01 a       282     0    12     1    18
  5.6175817674655093E+00 a       283     0    12     1    19
 -5.0598280029415772E+00 a       284     0    12     1    20
 -1.0457881656745764E+00 a       285     0    12     1    21
 -3.5145199091220741E-01 a       286     0    12     1    22
 -3.2930289328797522E+00 a       287     0    12     1    23
  5.9977787611130182E+00 a       288     0    12     1    24
 -4.7331006799324404E+00 a       289     0    13     1     1
 -1.2959908128431746E-01 a       290     0    13     1     2
 -6.2972074234603577E+00 a       291     0    13     1     3
  2.1106172523682849E+00 a       292     0    13     1     4
 -4.9996639941054841E+00 a       293     0    13     1     5
 -7.7094518093907649E-01 a       294     0    13     1     6
  2.0363691297674302E+00 a       295     0    13     1     7
 -2.4911258430569303E+00 a       296     0    13     1     8
  5.8519831989677344E+00 a       297     0    13     1     9
 -4.6393095864076672E+00 a       298     0    13     1    10
  1.9834947681584085E+00 a       299     0    13     1    11
 -9.4636725368615726E-01 a       300     0    13     1    12
  3.3561494042727422E+00 a       301     0    13     1    13
  2.7083755946859740E+00 a       302     0    13     1    14
 -2.3385444821824732E+00 a       303     0    13     1    15
  1.7666329246885932E+00 a       304     0    13     1    16
 -3.2363491330135821E+00 a       305     0    13     1    17
 -3.0077636932175071E+00 a       306     0    13     1    18
  3.0669520934781391E-01 a       307     0    13     1    19
 -6.4418804204612978E-01 a       308     0    13     1    20
  2.8669194346073055E+00 a       309     0    13     1    21
 -3.2374507840409206E+00 a       310     0    13     1    22
  7.7172032119251908E+00 a       311     0    13     1    23
  7.6433406985771279E-01 a       312     0    13     1    24
  2.5597469783800482E+00 a       313     0    14     1     1
 -5.5449890178251593E+00 a       314     0    14     1     2
  1.1932963442887099E+00 a       315     0    14     1     3
  3.0899224466420128E+00 a       316     0    14     1     4
  3.1453804400466860E+00 a       317     0    14     1     5
  2.6585391683788222E+00 a       318     0    14     1     6
 -5.6245962899119757E+00 a       319     0    14     1     7
  5.1878595835557597E+00 a       320     0    14     1     8
 -1.0134806400350234E+00 a       321     0    14     1     9
  3.4918589716010620E+00 a       322     0    14     1    10
  2.4519990590890210E+00 a       323     0    14     1    11
 -3.9990391287959364E+00 a       324     0    14     1    12
 -8.1617624716485482E-01 a       325     0    14     1    13
 -5.3388485961483312E+00 a       326     0    14     1    14
 -4.9874489307933265E+00 a       327     0    14     1    15
  5.9172025055499651E+00 a       328     0    14     1    16
  3.4108061944906134E+00 a       329     0    14     1    17
  3.1334664669734944E+00 a       330     0    14     1    18
  3.1737647958424002E+00 a       331     0    14     1    19
  3.5516426039826682E-01 a       332     0    14     1    20
 -9.4594972188291209E+00 a       333     0    14     1    21
  3.8971905331088159E+00 a       334     0    14     1    22
  1.6430378533563725E+00 a       335     0    14     1    23
  1.7564638985441152E+00 a       336     0    14     1    24
 -5.1174556811947296E+00 a       337     0    15     1     1
  8.1981661116168123E+00 a       338     0    15     1     2
 -6.8153365095641485E+00 a       339     0    15     1     3
  8.6276966406510223E+00 a       340     0    15     1     4
  8.9131482638772521E+00 a       341     0    15     1     5
 -9.0784442295699783E+00 a       342     0    15     1     6
  8.2271344104615141E-01 a       343     0    15     1     7
  1.8172713789767534E+00 a       344     0    15     1     8
 -5.9902767240153310E+00 a       345     0    15     1     9
 -9.2248317181221129E+00 a       346     0    15     1    10
  2.9726571223444891E+00 a       347     0    15     1    11
  7.7722325310113076E+00 a       348     0    15     1    12
 -2.3828343493190887E+00 a       349     0    15     1    13
  1.4153962948617502E+00 a       350     0    15     1    14
  2.7092007169069783E+00 a       351     0    15     1    15
  3.9202086596050276E+00 a       352     0    15     1    16
 -1.7480013857666638E+01 a       353     0    15     1    17
 -6.7366543532537522E+00 a       354     0    15     1    18
 -7.7827091317762349E+00 a       355     0    15     1    19
  3.1653562677928666E+00 a       356     0    15     1    20
 -1.6398334399666470E+00 a       357     0    15     1    21
  3.8179297434007524E+00 a       358     0    15     1    22
  9.6235102003355379E+00 a       359     0    15     1    23
  2.2627246298302581E+00 a       360     0    15     1    24
  3.6537256832375992E-01 a       361     0    16     1     1
  4.0704425303359697E+00 a       362     0    16     1     2
  4.0311198732272402E-01 a       363     0    16     1     3
  4.9734199347239433E-01 a       364     0    16     1     4
  3.9136110206629140E+00 a       365     0    16     1     5
 -6.2320901221147880E+00 a       366     0    16     1     6
  1.3095465107135484E+01 a       367     0    16     1     7
  2.2074165478052490E+00 a       368     0    16     1     8
 -2.4310375498505252E-01 a       369     0    16     1     9
  1.7802220028998925E+00 a       370     0    16     1    10
  1.1510448458158746E+00 a       371     0    16     1    11
  2.3206532928378993E+00 a       372     0    16     1    12
  2.2752623217851107E+00 a       373     0    16     1    13
 -4.3304087639480011E+00 a       374     0    16     1    14
 -1.8076854771551276E+00 a       375     0    16     1    15
 -1.7117613906696312E+00 a       376     0    16     1    16
  2.8120647866534152E+00 a       377     0    16     1    17
 -6.4199629708320560E-01 a       378     0    16     1    18
 -7.3624882841276502E+00 a       379     0    16     1    19
  1.4026327792864950E+00 a       380     0    16     1    20
 -7.8453353989720787E-01 a       381     0    16     1    21
  1.9990544103467480E+00 a       382     0    16     1    22
  3.4206325272342624E+00 a       383     0    16     1    23
  5.2879842435534963E+00 a       384     0    16     1    24
 -3.1554724022542757E-01 a       385     0    17     1     1
  4.1236726313265937E-01 a       386     0    17     1     2
  1.9143627997412288E-01 a       387     0    17     1     3
  2.4532726254071946E+00 a       388     0    17     1     4
  4.1177099136468414E+00 a       389     0    17     1     5
  5.0728535578327449E-01 a       390     0    17     1     6
  8.9678412393382423E-01 a       391     0    17     1     7
  5.8794648112786847E-02 a       392     0    17     1     8
 -1.2198326404015734E+00 a       393     0    17     1     9
 -5.7129446575752740E-01 a       394     0    17     1    10
  1.2487199644496225E+00 a       395     0    17     1    11
 -4.1935997725751843E-02 a       396     0    17     1    12
  6.1012540178403651E-01 a       397     0    17     1    13
 -2.1579625175786152E-01 a       398     0    17     1    14
 -6.4044895098936461E-02 a       399     0    17     1    15
 -7.2503607370793044E-01 a       400     0    17     1    16
 -2.5721627565195893E-01 a       401     0    17     1    17
 -2.9294995054483173E+00 a       402     0    17     1    18
  1.2264327626562275E+00 a       403     0    17     1    19
  2.0834020689482693E+00 a       404     0    17     1    20
  1.0277433490216872E+00 a       405     0    17     1    21
  6.5435767568252934E-01 a       406     0    17     1    22
  1.6926514305332128E+00 a       407     0    17     1    23
  6.5074847226808974E-01 a       408     0    17     1    24
  3.9375042700565144E-01 a       409     0    18     1     1
  2.3361070662672963E+00 a       410     0    18     1     2
 -3.5823805028101519E-01 a       411     0    18     1     3
  1.5466534462353447E+00 a       412     0    18     1     4
  3.8055548841107765E+00 a       413     0    18     1     5
 -1.3875682571223682E+00 a       414     0    18     1     6
  4.9115402292815009E+00 a       415     0    18     1     7
  1.3112292563072374E+00 a       416     0    18     1     8
 -1.3707897971831113E+00 a       417     0    18     1     9
 -1.1418438745887587E-01 a       418     0    18     1    10
  5.3536378959748165E-01 a       419     0    18     1    11
  9.0902158123550825E-01 a       420     0    18     1    12
  1.8406534156590852E+00 a       421     0    18     1    13
 -2.0892169843156556E+00 a       422     0    18     1    14
  2.5078953027650646E+00 a       423     0    18     1    15
 -2.0196347322439507E+00 a       424     0    18     1    16
  1.7987290403255567E+00 a       425     0    18     1    17
 -1.1047496171753008E+00 a       426     0    18     1    18
 -3.9888677097372521E-01 a       427     0    18     1    19
  3.4207571234390945E+00 a       428     0    18     1    20
  8.4223176447227088E-01 a       429     0    18     1    21
 -3.0277979426075546E-01 a       430     0    18     1    22
  2.9221132924664945E+00 a       431     0    18     1    23
  2.3426910665907168E+00 a       432     0    18     1    24
 -5.8449837489335621E-01 a       433     0    19     1     1
  1.3776669530904000E+00 a       434     0    19     1     2
  2.7474002094478687E+00 a       435     0    19     1     3
  1.3733623631089424E+00 a       436     0    19     1     4
 -5.4653762208468526E-01 a       437     0    19     1     5
 -2.1126089622297908E-01 a       438     0    19     1     6
  8.8712116551243592E-01 a       439     0    19     1     7
 -4.3559124217948559E+00 a       440     0    19     1     8
 -2.2217954994793776E+00 a       441     0    19     1     9
  2.9383885086809345E+00 a       442     0    19     1    10
 -3.4366445466617122E+00 a       443     0    19     1    11
  7.2181415731696494E-02 a       444     0    19     1    12
  1.6096442552611681E+00 a       445     0    19     1    13
  3.9058471992685124E+00 a       446     0    19     1    14
  3.8866047662904810E+00 a       447     0    19     1    15
 -1.9901553290849829E+00 a       448     0    19     1    16
 -1.2610515136529388E-01 a       449     0    19     1    17
 -3.1021127305821072E+00 a       450     0    19     1    18
 -1.2848876320921856E+00 a       451     0    19     1    19
  2.7915063133567140E+00 a       452     0    19     1    20
  1.3379833373833931E+00 a       453     0    19     1    21
 -1.4570653105447740E+00 a       454     0    19     1    22
  2.4033132864180127E+00 a       455     0    19     1    23
 -1.2927179664975939E+00 a       456     0    19     1    24
  3.6700608445569127E+00 a       457     0    20     1     1
  4.5028010340099867E+00 a       458     0    20     1     2
 -6.2646175631509760E+00 a       459     0    20     1     3
 -1.3990529129955060E+01 a       460     0    20     1     4
 -2.8757361270995979E-01 a       461     0    20     1     5
 -1.5854131467164509E+00 a       462     0    20     1     6
  1.0082289479712915E-01 a       463     0    20     1     7
  7.2942512487559501E+00 a       464     0    20     1     8
  7.1183740267536360E+00 a       465     0    20     1     9
  7.5281310050547292E+00 a       466     0    20     1    10
 -9.0482706165143529E+00 a       467     0    20     1    11
 -1.5023572678964626E+01 a       468     0    20     1    12
 -1.0745503974052730E+00 a       469     0    20     1    13
 -2.3916500407792998E+00 a       470     0    20     1    14
 -1.7274665965743912E+00 a       471     0    20     1    15
 -2.3483995528103296E+00 a       472     0    20     1    16
  1.2208982286310842E+01 a       473     0    20     1    17
  6.2523187494528489E+00 a       474     0    20     1    18
 -1.1960109196686579E+00 a       475     0    20     1    19
  1.0177036045243089E+01 a       476     0    20     1    20
  6.3945570852214635E+00 a       477     0    20     1    21
 -8.2465496922436321E-01 a       478     0    20     1    22
 -1.0652335699183132E+01 a       479     0    20     1    23
 -5.4178991326373149E-01 a       480     0    20     1    24
  4.0728006185713390E+00 a       481     0    21     1     1
 -4.2532475791103854E+00 a       482     0    21     1     2
  9.0210767751335186E-01 a       483     0    21     1     3
 -3.3411920547330505E+00 a       484     0    21     1     4
 -1.2619023585883498E+00 a       485     0    21     1     5
  3.9979759728118998E+00 a       486     0    21     1     6
 -6.7274625131243768E+00 a       487     0    21     1     7
  3.0356300460768750E+00 a       488     0    21     1     8
 -1.2508289896436615E+00 a       489     0    21     1     9
  4.1838615182062133E+00 a       490     0    21     1    10
  1.9276619812758047E+00 a       491     0    21     1    11
  1.5675781031198091E-01 a       492     0    21     1    12
 -1.2215743273389306E+00 a       493     0    21     1    13
  5.2859976796717865E+00 a       494     0    21     1    14
  1.5230873091191528E+00 a       495     0    21     1    15
 -8.1095620296637216E-01 a       496     0    21     1    16
 -6.8479783447782827E+00 a       497     0    21     1    17
 -1.0843930672047120E+00 a       498     0    21     1    18
  3.3106985256617980E+00 a       499     0    21     1    19
  4.0356882288380689E+00 a       500     0    21     1    20
 -5.3082201628088717E+00 a       501     0    21     1    21
  7.8083630254603538E+00 a       502     0    21     1    22
  1.7100535931109366E+00 a       503     0    21     1    23
 -1.2091842902608012E+00 a       504     0    21     1    24
  5.1240655493047915E-01 a       505     0    22     1     1
  3.4393084252362565E+00 a       506     0    22     1     2
  3.2297406821302541E+00 a       507     0    22     1     3
 -6.6183010307114980E+00 a       508     0    22     1     4
 -5.0391578072032344E+00 a       509     0    22     1     5
  3.4466798268583005E+00 a       510     0    22     1     6
 -1.1956049233529661E-01 a       511     0    22     1     7
  2.3563729304967511E+00 a       512     0    22     1     8
  3.5774376917518795E+00 a       513     0    22     1     9
 -7.2695025848886523E+00 a       514     0    22     1    10
  2.5628214032166308E+00 a       515     0    22     1    11
 -2.6334307987379995E+00 a       516     0    22     1    12
 -3.0900568689003554E+00 a       517     0    22     1    13
 -1.1194625463201865E+01 a       518     0    22     1    14
 -8.8791641974186319E-01 a       519     0    22     1    15
 -2.2260506305233636E+00 a       520     0    22     1    16
 -7.6908320476443608E+00 a       521     0    22     1    17
 -3.5815705837070895E+00 a       522     0    22     1    18
 -1.3594559497251776E-01 a       523     0    22     1    19
  2.8342340633392298E+00 a       524     0    22     1    20
  2.6015392586567992E-01 a       525     0    22     1    21
  5.6970818903621252E+00 a       526     0    22     1    22
  8.9576132921277090E+00 a       527     0    22     1    23
 -7.5842602166526669E+00 a       528     0    22     1    24
 -5.0225381072447464E+00 a       529     0    23     1     1
  1.2663317186971881E+00 a       530     0    23     1     2
 -8.4444090966415732E+00 a       531     0    23     1     3
 -4.0230557893618135E+00 a       532     0    23     1     4
 -2.9658853699525869E+00 a       533     0    23     1     5
 -6.4530644900024230E+00 a       534     0    23     1     6
  8.5056861994484905E+00 a       535     0    23     1     7
 -2.7731973665508352E+00 a       536     0    23     1     8
 -5.0289917387385430E-01 a       537     0    23     1     9
 -5.3998349056034574E+00 a       538     0    23     1    10
 -4.6589645194532575E-01 a       539     0    23     1    11
  3.9695420880695029E+00 a       540     0    23     1    12
  3.7976573723235671E+00 a       541     0    23     1    13
  1.2260282706458989E+01 a       542     0    23     1    14
  1.5701137241941359E+00 a       543     0    23     1    15
 -5.0404660817985611E+00 a       544     0    23     1    16
 -5.0057961514319338E-01 a       545     0    23     1    17
  2.9290226773795323E+00 a       546     0    23     1    18
 -3.9579915667254921E+00 a       547     0    23     1    19
 -8.0482957711510927E+00 a       548     0    23     1    20
  1.3785987454536029E+01 a       549     0    23     1    21
 -6.4738764524373691E+00 a       550     0    23     1    22
 -1.1604190541231594E+01 a       551     0    23     1    23
  4.7062118376186755E+00 a       552     0    23     1    24
  3.1638412238279519E+00 a       553     0    24     1     1
 -6.3602912195962222E+00 a       554     0    24     1     2
  1.0206666914714454E+01 a       555     0    24     1     3
 -1.0473693442492633E+00 a       556     0    24     1     4
 -1.8610121376047937E+00 a       557     0    24     1     5
  3.1557471721259001E+00 a       558     0    24     1     6
 -1.4831729883082301E+00 a       559     0    24     1     7
  4.5354739424988344E-01 a       560     0    24     1     8
 -8.0879261410669940E+00 a       561     0    24     1     9
  5.3962115196381513E+00 a       562     0    24     1    10
  1.0517711465383548E+00 a       563     0    24     1    11
  3.6606543717243123E+00 a       564     0    24     1    12
 -2.2025722327006911E+00 a       565     0    24     1    13
 -1.4329425218922547E+00 a       566     0    24     1    14
  1.0028481721151812E+00 a       567     0    24     1    15
  2.1834845519938237E-01 a       568     0    24     1    16
  3.7033195033138480E+00 a       569     0    24     1    17
  3.3675469662347832E+00 a       570     0    24     1    18
  1.0919328310821781E+00 a       571     0    24     1    19
 -6.9511374352569391E+00 a       572     0    24     1    20
 -5.8210709649012857E+00 a       573     0    24     1    21
  3.6921081594401346E+00 a       574     0    24     1    22
 -5.3010150307468287E+00 a       575     0    24     1    23
 -1.1989052427346119E+00 a       576     0    24     1    24
 -2.8853434034593013E+00 a       577     0    25     1     1
 -5.8940916659046572E+00 a       578     0    25     1     2
 -2.1628259896527946E+00 a       579     0    25     1     3
  2.8899536563919132E-01 a       580     0    25     1     4
 -6.1112117988282062E+00 a       581     0    25     1     5
  2.8548815878990905E+00 a       582     0    25     1     6
 -1.1179898809505939E+01 a       583     0    25     1     7
 -3.3300595715447230E+00 a       584     0    25     1     8
  1.2209502102288017E-01 a       585     0    25     1     9
 -1.6301032318746433E+00 a       586     0    25     1    10
 -3.7279978082731868E+00 a       587     0    25     1    11
 -6.3988346930332352E+00 a       588     0    25     1    12
  7.6174123467651411E-01 a       589     0    25     1    13
  2.8201186886373146E+00 a       590     0    25     1    14
 -1.6187908429408273E+00 a       591     0    25     1    15
  2.2969579402947153E+00 a       592     0    25     1    16
 -3.2844107820796218E+00 a       593     0    25     1    17
  3.9498177884643243E-01 a       594     0    25     1    18
  3.6528694730273776E+00 a       595     0    25     1    19
 -3.4506439249613678E+00 a       596     0    25     1    20
 -1.3961412087475356E+00 a       597     0    25     1    21
 -6.7417896432745907E+00 a       598     0    25     1    22
 -4.1066462723852188E+00 a       599     0    25     1    23
 -5.1741982146582615E+00 a       600     0    25     1    24
 -1.7358757814348360E+00 a       601     0    26     1     1
 -1.5079684663097115E-01 a       602     0    26     1     2
  1.1571066927950202E+00 a       603     0    26     1     3
  2.2349795907195995E+00 a       604     0    26     1     4
  2.7771236768816676E+00 a       605     0    26     1     5
  1.3646583331006581E+00 a       606     0    26     1     6
 -9.7553159185782912E-01 a       607     0    26     1     7
 -1.7214198993242333E-01 a       608     0    26     1     8
 -1.6488919957715771E+00 a       609     0    26     1     9
 -7.9516419524380955E-01 a       610     0    26     1    10
  8.3093168505407966E-01 a       611     0    26     1    11
  1.0243402927199858E+00 a       612     0    26     1    12
  1.0244597502756982E+00 a       613     0    26     1    13
  8.4765405276487182E-01 a       614     0    26     1    14
  1.0019582068691717E+00 a       615     0    26     1    15
 -5.3251632144239569E-01 a       616     0    26     1    16
 -9.1025496065338096E-01 a       617     0    26     1    17
 -2.3044674383691488E+00 a       618     0    26     1    18
  1.9329095080815824E+00 a       619     0    26     1    19
  5.2315828707563516E-01 a       620     0    26     1    20
  9.1490933814480102E-01 a       621     0    26     1    21
 -3.1473907321409200E-01 a       622     0    26     1    22
  2.2547472168594518E+00 a       623     0    26     1    23
 -1.1749876676649307E-01 a       624     0    26     1    24
 -4.2417645382266439E-01 a       625     0    27     1     1
  1.4958840283678778E+00 a       626     0    27     1     2
  1.5953625527937700E+00 a       627     0    27     1     3
  1.5480206378224908E+00 a       628     0    27     1     4
  3.6268459034478915E+00 a       629     0    27     1     5
  1.1755921326347721E-01 a       630     0    27     1     6
 -1.7510881642358942E+00 a       631     0    27     1     7
 -1.0619866186207374E+00 a       632     0    27     1     8
 -2.9696313631583898E-01 a       633     0    27     1     9
 -7.3684527567575342E-01 a       634     0    27     1    10
 -1.9210588042787358E+00 a       635     0    27     1    11
  9.6779531201878721E-01 a       636     0    27     1    12
  9.9667713670288138E-01 a       637     0    27     1    13
  2.6107661861929383E+00 a       638     0    27     1    14
  6.0408818298901608E+00 a       639     0    27     1    15
 -8.9271134674419106E-01 a       640     0    27     1    16
 -4.8400269657420725E-01 a       641     0    27     1    17
 -3.5095206866588852E-01 a       642     0    27     1    18
  1.2083977798778065E+00 a       643     0    27     1    19
  2.9925801484909158E+00 a       644     0    27     1    20
  2.3245447628790656E+00 a       645     0    27     1    21
 -3.7283647595149931E+00 a       646     0    27     1    22
  2.6182903667984192E+00 a       647     0    27     1    23
 -4.7562221206975577E-02 a       648     0    27     1    24
  5.5089463744951872E-01 a       649     0    28     1     1
  1.8376106904278162E+00 a       650     0    28     1     2
  4.7469492743070312E+00 a       651     0    28     1     3
  2.8949123653223232E+00 a       652     0    28     1     4
  2.9648019476138426E-01 a       653     0    28     1     5
  1.9615013390503747E-01 a       654     0    28     1     6
 -2.5446568104382843E+00 a       655     0    28     1     7
 -3.3204256526706408E+00 a       656     0    28     1     8
 -1.5574528430443568E+00 a       657     0    28     1     9
  3.3904029743901249E+00 a       658     0    28     1    10
 -2.6051779961697372E+00 a       659     0    28     1    11
  8.3519105348562572E-01 a       660     0    28     1    12
  1.2284717543411178E-01 a       661     0    28     1    13
  3.6898464524905235E+00 a       662     0    28     1    14
  3.7322873546513846E+00 a       663     0    28     1    15
  1.4047980484019364E+00 a       664     0    28     1    16
  1.5563589667775168E+00 a       665     0    28     1    17
 -2.3533649371269871E+00 a       666     0    28     1    18
 -9.9858289295051625E-02 a       667     0    28     1    19
  3.7844224876649926E+00 a       668     0    28     1    20
 -8.1685165276138072E-01 a       669     0    28     1    21
  4.0298757834492616E-01 a       670     0    28     1    22
  5.6860570643738644E+00 a       671     0    28     1    23
 -2.2927127040107447E+00 a       672     0    28     1    24
  5.3926691481205602E-01 a       673     0    29     1     1
  1.0064724154156686E+00 a       674     0    29     1     2
 -1.2174573683640904E+00 a       675     0    29     1     3
  1.0112568851634975E-01 a       676     0    29     1     4
 -3.4271817503871831E+00 a       677     0    29     1     5
 -1.5847976754349584E+00 a       678     0    29     1     6
  1.7518691021519457E+00 a       679     0    29     1     7
 -2.1755297943960903E+00 a       680     0    29     1     8
  2.9606954700249788E+00 a       681     0    29     1     9
 -1.6210511348311456E+00 a       682     0    29     1    10
  6.2859674544662147E-01 a       683     0    29     1    11
  3.0269793555593045E+00 a       684     0    29     1    12
 -1.8349210420984075E+00 a       685     0    29     1    13
 -8.7449753463912472E-01 a       686     0    29     1    14
 -2.4599231873647214E+00 a       687     0    29     1    15
  1.0101096442012079E+00 a       688     0    29     1    16
 -1.1436035888458378E+00 a       689     0    29     1    17
  1.3096558239888005E+00 a       690     0    29     1    18
 -3.3579359939270472E+00 a       691     0    29     1    19
 -3.0442256439303756E+00 a       692     0    29     1    20
 -1.5214384548296673E+00 a       693     0    29     1    21
  9.2026280277788508E-01 a       694     0    29     1    22
 -9.7867434093872696E-01 a       695     0    29     1    23
 -5.0736219930411852E-01 a       696     0    29     1    24
  5.6733760557325585E-01 a       697     0    30     1     1
 -3.5447347914775171E-03 a       698     0    30     1     2
 -4.1117194496242671E-01 a       699     0    30     1     3
 -1.7049686707598466E+00 a       700     0    30     1     4
 -3.9807688557918026E+00 a       701     0    30     1     5
 -5.0648871474898084E-02 a       702     0    30     1     6
  3.7640560078277616E+00 a       703     0    30     1     7
  7.3543222740364145E-01 a       704     0    30     1     8
  2.1859356629487992E+00 a       705     0    30     1     9
  7.9537198304571910E-01 a       706     0    30     1    10
  3.0718205764490465E+00 a       707     0    30     1    11
  1.1224191637137764E+00 a       708     0    30     1    12
 -2.2976016945083599E+00 a       709     0    30     1    13
 -3.9381551158766217E+00 a       710     0    30     1    14
 -9.0611104564974880E+00 a       711     0    30     1    15
  1.1139813363166358E+00 a       712     0    30     1    16
  1.5953299480796255E+00 a       713     0    30     1    17
  1.7319020636344649E+00 a       714     0    30     1    18
 -2.9463863287073102E+00 a       715     0    30     1    19
 -4.8472713498890325E+00 a       716     0    30     1    20
 -1.0072846698772377E+00 a       717     0    30     1    21
  3.0803525089051700E+00 a       718     0    30     1    22
 -4.0711608385175673E+00 a       719     0    30     1    23
  8.6775359925294260E-01 a       720     0    30     1    24
  2.4937595517730431E+00 a       721     0    31     1     1
 -2.9422335729898399E+00 a       722     0    31     1     2
 -1.2429759029972940E+00 a       723     0    31     1     3
  8.8586529378904300E-01 a       724     0    31     1     4
  3.6010231493170317E+00 a       725     0    31     1     5
  2.4008979489046554E+00 a       726     0    31     1     6
 -1.9741447718520029E+00 a       727     0    31     1     7
  7.0088632243815665E+00 a       728     0    31     1     8
  3.2076474163198916E+00 a       729     0    31     1     9
 -6.2385181883834651E-01 a       730     0    31     1    10
  5.5220472970281600E+00 a       731     0    31     1    11
 -1.9840037541300179E+00 a       732     0    31     1    12
 -2.1573172262981011E+00 a       733     0    31     1    13
 -1.0529764403907439E+01 a       734     0    31     1    14
 -5.9952529759459843E+00 a       735     0    31     1    15
  3.9949320598394524E+00 a       736     0    31     1    16
  9.8792783371771242E-01 a       737     0    31     1    17
  3.1099598835617335E+00 a       738     0    31     1    18
  3.6368518457711403E+00 a       739     0    31     1    19
 -1.2771877594586922E+00 a       740     0    31     1    20
 -7.3687738971928880E+00 a       741     0    31     1    21
  3.3941028307991310E+00 a       742     0    31     1    22
 -2.7422322025095958E+00 a       743     0    31     1    23
  2.0277130354989423E+00 a       744     0    31     1    24
  3.9770855029912529E+00 a       745     0    32     1     1
 -8.0211611532526579E+00 a       746     0    32     1     2
  6.2460899404666428E+00 a       747     0    32     1     3
 -3.2946242709940634E+00 a       748     0    32     1     4
 -4.5690215779675736E+00 a       749     0    32     1     5
  9.3603482193336696E+00 a       750     0    32     1     6
  6.3802676962946470E-01 a       751     0    32     1     7
 -3.7067622939728992E+00 a       752     0    32     1     8
  6.2497913583766369E+00 a       753     0    32     1     9
  6.7623541733396948E+00 a       754     0    32     1    10
 -1.6914180939328098E+00 a       755     0    32     1    11
 -6.4231943565168299E+00 a       756     0    32     1    12
  2.4861349284784189E+00 a       757     0    32     1    13
 -1.6376558648701927E+00 a       758     0    32     1    14
  8.9924217390490793E-02 a       759     0    32     1    15
 -2.5819536506894400E+00 a       760     0    32     1    16
  1.7669963478981277E+01 a       761     0    32     1    17
  1.3167077821126134E+00 a       762     0    32     1    18
  9.3996065934265829E+00 a       763     0    32     1    19
 -9.4804783963831907E-01 a       764     0    32     1    20
  1.7726249192059818E+00 a       765     0    32     1    21
 -1.7444885643191421E+00 a       766     0    32     1    22
 -8.3016945623689917E+00 a       767     0    32     1    23
 -2.3745630103770479E+00 a       768     0    32     1    24
 -7.0313980292368949E-01 a       769     0    33     1     1
  4.3567873698257653E+00 a       770     0    33     1     2
 -9.9732351781886619E-01 a       771     0    33     1     3
  2.0883921006191053E+00 a       772     0    33     1     4
 -3.1535064739777954E+00 a       773     0    33     1     5
 -4.5318562419781045E+00 a       774     0    33     1     6
  2.9662063345661380E+00 a       775     0    33     1     7
 -7.3563610984002352E+00 a       776     0    33     1     8
 -6.4776814003816374E-01 a       777     0    33     1     9
  3.2187278681857903E+00 a       778     0    33     1    10
 -4.1847660292461617E+00 a       779     0    33     1    11
  3.1599926712628137E+00 a       780     0    33     1    12
  1.0904176435023707E+00 a       781     0    33     1    13
  7.2998146138834699E+00 a       782     0    33     1    14
  4.1490663348488823E+00 a       783     0    33     1    15
 -7.4204896339627879E-01 a       784     0    33     1    16
 -1.6568976609583459E+00 a       785     0    33     1    17
 -5.6568707350509575E+00 a       786     0    33     1    18
 -4.9264299645405059E+00 a       787     0    33     1    19
  2.0126470884811769E+00 a       788     0    33     1    20
  2.1023389878256538E+00 a       789     0    33     1    21
 -1.9479793563950019E+00 a       790     0    33     1    22
 -2.0763976535292328E-01 a       791     0    33     1    23
 -1.0144800543900536E+00 a       792     0    33     1    24
  4.4086398525669229E-01 a       793     0    34     1     1
  2.9766409122463588E-01 a       794     0    34     1     2
 -1.7117357391165633E-01 a       795     0    34     1     3
 -6.1539920405206217E-01 a       796     0    34     1     4
  1.3039321741342742E+00 a       797     0    34     1     5
  4.7817611289563761E-01 a       798     0    34     1     6
 -7.9133069450794055E-02 a       799     0    34     1     7
 -5.2615674520546918E-01 a       800     0    34     1     8
  4.7291506257954080E-01 a       801     0    34     1     9
  1.7632677604425850E-01 a       802     0    34     1    10
  1.7906920539980276E-01 a       803     0    34     1    11
 -5.1576545952008663E-03 a       804     0    34     1    12
  9.2055235188107917E-02 a       805     0    34     1    13
 -4.4632112788317119E-01 a       806     0    34     1    14
 -2.5782599395612581E-02 a       807     0    34     1    15
 -4.1230546427422765E-01 a       808     0    34     1    16
  4.2150903308375626E-01 a       809     0    34     1    17
  1.0237608154721038E+00 a       810     0    34     1    18
 -6.9838181523573961E-01 a       811     0    34     1    19
 -4.1731113506652651E-01 a       812     0    34     1    20
 -3.6244137596791443E-01 a       813     0    34     1    21
 -2.0230601941401785E-01 a       814     0    34     1    22
  5.3049284130222729E-01 a       815     0    34     1    23
  4.1026994063612438E-01 a       816     0    34     1    24
  1.1509761931077127E+00 a       817     0    35     1     1
  1.6151223737990725E-01 a       818     0    35     1     2
  4.9301538093711783E-01 a       819     0    35     1     3
 -5.3685157993261823E-01 a       820     0    35     1     4
 -7.2232696975319566E-01 a       821     0    35     1     5
 -5.1942869798868962E-01 a       822     0    35     1     6
 -9.6171169411759383E-01 a       823     0    35     1     7
 -8.9487995788461991E-02 a       824     0    35     1     8
 -1.6737741489286500E+00 a       825     0    35     1     9
  7.0582592722002191E-01 a       826     0    35     1    10
 -4.6320519973560648E-01 a       827     0    35     1    11
 -3.3577005988732478E-01 a       828     0    35     1    12
  8.0910670972417498E-01 a       829     0    35     1    13
  7.2747333284298721E-01 a       830     0    35     1    14
  2.4188575083300584E-01 a       831     0    35     1    15
 -8.3976787907959083E-01 a       832     0    35     1    16
 -1.9801096199574315E+00 a       833     0    35     1    17
  7.1415521737846377E-01 a       834     0    35     1    18
  7.4930135602389503E-01 a       835     0    35     1    19
  5.2177799667500169E-01 a       836     0    35     1    20
  3.8564387491419785E-02 a       837     0    35     1    21
 -8.4465015440405644E-01 a       838     0    35     1    22
  1.8893201067874901E-01 a       839     0    35     1    23
  7.8923067191861851E-01 a       840     0    35     1    24
  3.7115223718035673E-01 a       841     0    36     1     1
 -2.3545825778846502E-01 a       842     0    36     1     2
  1.2963710972985312E+00 a       843     0    36     1     3
  2.7727270957419472E-02 a       844     0    36     1     4
 -1.1919138032676387E-01 a       845     0    36     1     5
 -8.1418311581545699E-01 a       846     0    36     1     6
  9.1572467469332577E-02 a       847     0    36     1     7
  2.3771946886850567E-01 a       848     0    36     1     8
  9.0185476624509131E-01 a       849     0    36     1     9
  2.5657956776439639E-01 a       850     0    36     1    10
  1.5339544804000609E+00 a       851     0    36     1    11
  8.8314295981393276E-01 a       852     0    36     1    12
 -5.7043098744820431E-01 a       853     0    36     1    13
 -2.1879636078102260E-01 a       854     0    36     1    14
  1.0009330585762819E+00 a       855     0    36     1    15
  6.9213087822750730E-01 a       856     0    36     1    16
  7.6222240685054921E-01 a       857     0    36     1    17
  5.4279324954827535E-01 a       858     0    36     1    18
 -2.4183557438851402E+00 a       859     0    36     1    19
  2.9390891361092730E-01 a       860     0    36     1    20
  5.3333280651847681E-01 a       861     0    36     1    21
 -1.9993410055878469E-01 a       862     0    36     1    22
  8.5195958677648875E-01 a       863     0    36     1    23
  1.4335858071798893E+00 a       864     0    36     1    24
 -3.4298333705646535E+00 a       865     0    37     1     1
  1.8213665024770903E-01 a       866     0    37     1     2
 -2.2374524733932302E+00 a       867     0    37     1     3
 -1.0137879881202385E+00 a       868     0    37     1     4
  2.0699496790948527E-01 a       869     0    37     1     5
 -1.8494393146002013E+00 a       870     0    37     1     6
  7.4417659821662339E+00 a       871     0    37     1     7
 -8.8709516201650951E-01 a       872     0    37     1     8
 -6.1425765934767729E-01 a       873     0    37     1     9
 -2.8140049902320627E+00 a       874     0    37     1    10
  2.5576203180755083E-02 a       875     0    37     1    11
  3.9762899087949183E-01 a       876     0    37     1    12
 -1.0498128405210467E+00 a       877     0    37     1    13
 -8.4493653797299721E+00 a       878     0    37     1    14
 -4.4504593012825540E+00 a       879     0    37     1    15
 -2.9901969723778743E+00 a       880     0    37     1    16
  4.6574595535260039E+00 a       881     0    37     1    17
 -3.2118678111726080E+00 a       882     0    37     1    18
 -5.4636022078100055E+00 a       883     0    37     1    19
 -9.0197053738276989E-01 a       884     0    37     1    20
  5.4836060319804392E-01 a       885     0    37     1    21
  5.5738552042754019E+00 a       886     0    37     1    22
  2.3869283580258718E+00 a       887     0    37     1    23
  5.5645655912627783E+00 a       888     0    37     1    24
 -8.5283531567774107E-01 a       889     0    38     1     1
  1.1512447835988140E-01 a       890     0    38     1     2
 -2.0318542365628058E+00 a       891     0    38     1     3
  1.3535743059155314E+00 a       892     0    38     1     4
  4.6502227363833482E-01 a       893     0    38     1     5
  3.6263361999694677E-01 a       894     0    38     1     6
 -2.5641498839593957E-01 a       895     0    38     1     7
 -1.2163912274341850E+00 a       896     0    38     1     8
  2.0807935030801383E+00 a       897     0    38     1     9
 -1.7130223203515904E-01 a       898     0    38     1    10
 -5.8897661767629816E-01 a       899     0    38     1    11
  9.7355959141643322E-01 a       900     0    38     1    12
 -8.2001886414162756E-02 a       901     0    38     1    13
  1.0518144721585815E-01 a       902     0    38     1    14
  3.1026477082209675E-01 a       903     0    38     1    15
  1.0063192260028966E+00 a       904     0    38     1    16
 -8.8931438942423102E-01 a       905     0    38     1    17
 -1.5411065039037142E+00 a       906     0    38     1    18
 -1.8599745706647957E+00 a       907     0    38     1    19
  7.5122006579356027E-01 a       908     0    38     1    20
  2.1613334355340075E-01 a       909     0    38     1    21
  9.9352895841434585E-01 a       910     0    38     1    22
  1.1164327221550956E+00 a       911     0    38     1    23
  2.8223057146423280E-01 a       912     0    38     1    24
 -2.2525369654885843E+00 a       913     0    39     1     1
  9.5253853347007855E-01 a       914     0    39     1     2
  1.4149252190978157E-01 a       915     0    39     1     3
  2.6837840324747528E+00 a       916     0    39     1     4
  5.2394479524201083E+00 a       917     0    39     1     5
  6.5612591552767452E-01 a       918     0    39     1     6
 -1.0107317934555142E+00 a       919     0    39     1     7
  2.3075565692917137E+00 a       920     0    39     1     8
  5.5959642349375347E+00 a       921     0    39     1     9
 -2.1099873063627514E+00 a       922     0    39     1    10
  1.9497980213743333E+00 a       923     0    39     1    11
  1.0681750899616638E+00 a       924     0    39     1    12
 -8.8439158970896550E+00 a       925     0    39     1    13
 -2.5185609078719634E-01 a       926     0    39     1    14
  1.5590682683403208E+00 a       927     0    39     1    15
  1.0332344318369442E+00 a       928     0    39     1    16
  2.5352542798913968E+00 a       929     0    39     1    17
  5.7832625584438953E+00 a       930     0    39     1    18
 -3.1542886747184107E-01 a       931     0    39     1    19
 -9.4042126302401197E-01 a       932     0    39     1    20
 -7.1234652970657031E-01 a       933     0    39     1    21
  3.9272300636603292E+00 a       934     0    39     1    22
  4.5112893427957568E+00 a       935     0    39     1    23
  4.2997674313218792E-01 a       936     0    39     1    24
 -9.3547348830089239E-01 a       937     0    40     1     1
  6.2863272000918358E-01 a       938     0    40     1     2
 -2.6734672481037460E+00 a       939     0    40     1     3
  5.7536589104757019E-01 a       940     0    40     1     4
 -1.2210439188658953E+00 a       941     0    40     1     5
 -2.2720793502142560E+00 a       942     0    40     1     6
  1.1587949826193451E+00 a       943     0    40     1     7
  2.3569777136682485E-01 a       944     0    40     1     8
  2.8378677735488478E+00 a       945     0    40     1     9
 -9.2834072249978439E-01 a       946     0    40     1    10
  3.8077626521372108E+00 a       947     0    40     1    11
  2.6069927837248086E+00 a       948     0    40     1    12
 -2.1966879512677573E+00 a       949     0    40     1    13
  2.8520334137246310E+00 a       950     0    40     1    14
 -1.7330092537642880E+00 a       951     0    40     1    15
  4.4596297130690532E+00 a       952     0    40     1    16
  6.2245602593766236E+00 a       953     0    40     1    17
 -3.4840590194773302E+00 a       954     0    40     1    18
 -8.3293371744690747E-01 a       955     0    40     1    19
 -3.9924863167683305E-01 a       956     0    40     1    20
  3.4942466506561960E+00 a       957     0    40     1    21
  5.0254104602090512E+00 a       958     0    40     1    22
  6.0626042164775129E-01 a       959     0    40     1    23
 -4.4598358501504298E-01 a       960     0    40     1    24
 -4.8387739501741267E-01 a       961     0    41     1     1
  1.9286871241451651E+00 a       962     0    41     1     2
  9.8553124154841631E-01 a       963     0    41     1     3
  1.2951136297144243E+00 a       964     0    41     1     4
  1.2018510592054836E+00 a       965     0    41     1     5
  3.8210872838314580E-01 a       966     0    41     1     6
  2.5387299672267520E+00 a       967     0    41     1     7
  1.0055302328729543E+00 a       968     0    41     1     8
  1.3970057944357233E+00 a       969     0    41     1     9
 -7.2092397471847355E-02 a       970     0    41     1    10
  1.0695967487799725E+00 a       971     0    41     1    11
  2.5727734572153138E+00 a       972     0    41     1    12
 -1.0986034860961913E+00 a       973     0    41     1    13
 -6.0807326748556678E-01 a       974     0    41     1    14
 -8.2422972351367441E-01 a       975     0    41     1    15
  1.1042265854750017E+00 a       976     0    41     1    16
  3.3446798782620863E+00 a       977     0    41     1    17
 -1.3747680669257090E-01 a       978     0    41     1    18
  5.1924818627453306E-01 a       979     0    41     1    19
 -1.3821437036101011E-01 a       980     0    41     1    20
  1.6387762970892932E+00 a       981     0    41     1    21
  2.8150909256785956E+00 a       982     0    41     1    22
 -1.0397763552410488E+00 a       983     0    41     1    23
 -5.8618283016929340E-01 a       984     0    41     1    24
  1.5692956811500770E-02 a       985     0    42     1     1
  3.3866005419562932E+00 a       986     0    42     1     2
  1.5856585357648172E+00 a       987     0    42     1     3
  2.2129613060876925E+00 a       988     0    42     1     4
 -3.9673964480013462E+00 a       989     0    42     1     5
 -7.1800939262228587E+00 a       990     0    42     1     6
 -5.8601250292056273E+00 a       991     0    42     1     7
 -4.9048331952154811E+00 a       992     0    42     1     8
 -1.3664461966325883E+00 a       993     0    42     1     9
  2.2172110923051958E+00 a       994     0    42     1    10
  1.2364929616730429E+01 a       995     0    42     1    11
  4.1223121631998634E+00 a       996     0    42     1    12
 -6.0881677316748712E+00 a       997     0    42     1    13
  9.1354271832903766E+00 a       998     0    42     1    14
 -1.6682876365385377E+00 a       999     0    42     1    15
  7.6753934285708434E+00 a      1000     0    42     1    16
  7.3787473828695633E+00 a      1001     0    42     1    17
 -2.5419629493390712E+00 a      1002     0    42     1    18
 -7.1291629513561672E+00 a      1003     0    42     1    19
  1.2131035582230587E+00 a      1004     0    42     1    20
  2.7902571523725284E-01 a      1005     0    42     1    21
  8.2022182549694485E+00 a      1006     0    42     1    22
  1.9239774639629854E+00 a      1007     0    42     1    23
 -1.1360353198906932E+00 a      1008     0    42     1    24
  2.0803220100660895E+00 a      1009     0    43     1     1
 -5.5547902565354716E+00 a      1010     0    43     1     2
 -5.7515269060528795E-01 a      1011     0    43     1     3
 -8.5707064309621606E-01 a      1012     0    43     1     4
  2.3406356485728166E+00 a      1013     0    43     1     5
  7.6059724559856576E+00 a      1014     0    43     1     6
 -6.3101968547908633E+00 a      1015     0    43     1     7
  7.7993013457119380E+00 a      1016     0    43     1     8
  3.0065419484023581E-01 a      1017     0    43     1     9
  2.7554547737285495E+00 a      1018     0    43     1    10
  5.3491680381286688E+00 a      1019     0    43     1    11
 -1.5409675741924467E+00 a      1020     0    43     1    12
 -5.6173099408808702E-01 a      1021     0    43     1    13
  7.6126331729379144E+00 a      1022     0    43     1    14
  4.1311327795910264E+00 a      1023     0    43     1    15
  3.2285920569220137E+00 a      1024     0    43     1    16
 -4.4302971654058139E+00 a      1025     0    43     1    17
  7.3636229471718895E-01 a      1026     0    43     1    18
  1.1685909795575922E+01 a      1027     0    43     1    19
 -3.1267161074317573E+00 a      1028     0    43     1    20
 -4.4497378493145140E-02 a      1029     0    43     1    21
 -6.6720022363003171E+00 a      1030     0    43     1    22
  1.8214093149875905E+00 a      1031     0    43     1    23
 -4.0946991940685287E+00 a      1032     0    43     1    24
  1.3062301909806078E+00 a      1033     0    44     1     1
 -1.0976748230921589E+00 a      1034     0    44     1     2
 -7.5114420888652633E-01 a      1035     0    44     1     3
 -4.5385605541756302E+00 a      1036     0    44     1     4
  7.0628844728117990E-01 a      1037     0    44     1     5
  1.4279848909431974E+00 a      1038     0    44     1     6
 -7.3763556856660284E-01 a      1039     0    44     1     7
  5.0807448188472204E+00 a      1040     0    44     1     8
 -9.9518636222883161E-01 a      1041     0    44     1     9
 -2.1243924417887558E-01 a      1042     0    44     1    10
  5.5772314393413724E+00 a      1043     0    44     1    11
 -1.7194746264383780E+00 a      1044     0    44     1    12
 -2.6755721340906485E-01 a      1045     0    44     1    13
 -3.8465924253616337E+00 a      1046     0    44     1    14
 -3.5777752659752196E+00 a      1047     0    44     1    15
 -2.9933669062369512E+00 a      1048     0    44     1    16
  1.4261547236350658E+00 a      1049     0    44     1    17
  1.7818030770101003E+00 a      1050     0    44     1    18
  5.1698521699733035E+00 a      1051     0    44     1    19
 -3.2159382405203085E+00 a      1052     0    44     1    20
 -1.7764222119393802E+00 a      1053     0    44     1    21
 -2.2571132986971110E+00 a      1054     0    44     1    22
 -3.0953254254106324E+00 a      1055     0    44     1    23
  6.9445544271779514E-01 a      1056     0    44     1    24
 -4.0973218604371997E+00 a      1057     0    45     1     1
  1.9136905638641535E+00 a      1058     0    45     1     2
  1.9618042755060361E+00 a      1059     0    45     1     3
  5.0991658760588747E-02 a      1060     0    45     1     4
  7.8983100962934216E-01 a      1061     0    45     1     5
  2.2118969085150950E+00 a      1062     0    45     1     6
  5.1106457070324112E+00 a      1063     0    45     1     7
 -4.7930875787798319E+00 a      1064     0    45     1     8
 -7.0418676624798615E-01 a      1065     0    45     1     9
  3.2314702623761762E+00 a      1066     0    45     1    10
 -1.1857466917373227E-01 a      1067     0    45     1    11
  4.6262021756843215E+00 a      1068     0    45     1    12
  7.1553261700440407E+00 a      1069     0    45     1    13
  6.1285103061676791E+00 a      1070     0    45     1    14
  1.8811045890945246E+00 a      1071     0    45     1    15
  4.8430692857818114E+00 a      1072     0    45     1    16
  1.1307303831625237E+00 a      1073     0    45     1    17
 -1.2036648582329848E+01 a      1074     0    45     1    18
 -3.0123727695628788E+00 a      1075     0    45     1    19
 -1.9674241216260715E+00 a      1076     0    45     1    20
  6.7833757734427422E+00 a      1077     0    45     1    21
 -1.9152457662631561E+00 a      1078     0    45     1    22
  2.1894497678972755E-01 a      1079     0    45     1    23
 -4.1259533597874931E+00 a      1080     0    45     1    24
  3.7914965769726403E+00 a      1081     0    46     1     1
  1.4085623894984256E-01 a      1082     0    46     1     2
  2.8211178222196538E+00 a      1083     0    46     1     3
  1.3878033235709177E+00 a      1084     0    46     1     4
  4.6705855777957508E+00 a      1085     0    46     1     5
  1.7526131065403678E+00 a      1086     0    46     1     6
  2.2857316332414364E+00 a      1087     0    46     1     7
 -2.7611267037666338E+00 a      1088     0    46     1     8
  2.1107301437607449E+00 a      1089     0    46     1     9
 -2.6674267480188756E+00 a      1090     0    46     1    10
 -3.7447706849475564E+00 a      1091     0    46     1    11
 -2.1426840383282267E-01 a      1092     0    46     1    12
 -2.1058500307494756E+00 a      1093     0    46     1    13
 -5.0704074180655825E+00 a      1094     0    46     1    14
  2.8121213076865943E+00 a      1095     0    46     1    15
 -8.4440184460751333E-01 a      1096     0    46     1    16
 -3.8899193085625612E+00 a      1097     0    46     1    17
  4.4583560073255430E+00 a      1098     0    46     1    18
  4.1903044761638025E-01 a      1099     0    46     1    19
  2.4026336521862666E-02 a      1100     0    46     1    20
 -5.5555516526128619E+00 a      1101     0    46     1    21
 -2.1198387142130177E+00 a      1102     0    46     1    22
 -8.5511581186607466E-01 a      1103     0    46     1    23
  1.3898549273668528E+00 a      1104     0    46     1    24
  1.7544437651438245E+00 a      1105     0    47     1     1
 -2.8790617491849804E+00 a      1106     0    47     1     2
 -3.2816266340986382E+00 a      1107     0    47     1     3
 -1.9853145983073206E+00 a      1108     0    47     1     4
  8.4401409859285070E-01 a      1109     0    47     1     5
 -4.1666820026673479E-01 a      1110     0    47     1     6
 -4.7681469009816375E+00 a      1111     0    47     1     7
 -3.0987592322398414E+00 a      1112     0    47     1     8
 -9.6876699337281172E-02 a      1113     0    47     1     9
  1.1688437920023813E+00 a      1114     0    47     1    10
  1.4985545737927508E+00 a      1115     0    47     1    11
 -5.0265932994678098E+00 a      1116     0    47     1    12
  1.9927538758912413E+00 a      1117     0    47     1    13
  1.8883758006341451E+00 a      1118     0    47     1    14
  1.5752411111054108E+00 a      1119     0    47     1    15
 -1.5200475521593504E+00 a      1120     0    47     1    16
 -6.2125720222013321E+00 a      1121     0    47     1    17
 -1.6820980736600117E+00 a      1122     0    47     1    18
 -1.1034153095243655E+00 a      1123     0    47     1    19
  1.7443456392849193E+00 a      1124     0    47     1    20
 -3.7176118637589739E+00 a      1125     0    47     1    21
 -7.4842549648996304E+00 a      1126     0    47     1    22
  2.2512798236563203E+00 a      1127     0    47     1    23
  9.0101838571023796E-01 a      1128     0    47     1    24
  3.1012589990009870E-01 a      1129     0    48     1     1
 -3.1254532615553772E+00 a      1130     0    48     1     2
  4.2189448602221225E+00 a      1131     0    48     1     3
 -9.5864284261457533E-01 a      1132     0    48     1     4
  6.5450429797883842E+00 a      1133     0    48     1     5
  3.3729857952369460E+00 a      1134     0    48     1     6
  4.5923802901870814E-01 a      1135     0    48     1     7
  3.9704910954933537E+00 a      1136     0    48     1     8
  5.3291630527067557E+00 a      1137     0    48     1     9
 -3.2201181099360148E+00 a      1138     0    48     1    10
 -1.2986078296442182E+01 a      1139     0    48     1    11
  1.1569383571039522E+00 a      1140     0    48     1    12
  3.1444370868963567E+00 a      1141     0    48     1    13
  2.9059186844436220E+00 a      1142     0    48     1    14
  5.5698297213321633E+00 a      1143     0    48     1    15
 -4.5891579602584054E+00 a      1144     0    48     1    16
 -2.0003190036523488E+01 a      1145     0    48     1    17
 -5.4280924128935020E+00 a      1146     0    48     1    18
 -2.8669553406223307E+00 a      1147     0    48     1    19
 -1.8020255378042485E+00 a      1148     0    48     1    20
  7.8822162097808199E+00 a      1149     0    48     1    21
 -1.4324108377657693E+01 a      1150     0    48     1    22
  4.3553957113164516E+00 a      1151     0    48     1    23
 -4.6759732639057869E+00 a      1152     0    48     1    24
  1.4942158871105574E-01 a      1153     0    49     1     1
 -2.6328492775573675E-01 a      1154     0    49     1     2
  6.6351610523254800E-01 a      1155     0    49     1     3
  7.7673941847736483E-01 a      1156     0    49     1     4
  1.5259658200278929E+00 a      1157     0    49     1     5
  1.4715514836352173E+00 a      1158     0    49     1     6
 -2.3518671939096412E+00 a      1159     0    49     1     7
  1.3484760346478781E+00 a      1160     0    49     1     8
 -1.9253579068514232E-01 a      1161     0    49     1     9
  1.0748211014677340E+00 a      1162     0    49     1    10
 -6.4162237632636276E-01 a      1163     0    49     1    11
 -5.3939717877375404E-01 a      1164     0    49     1    12
  9.0302448780229039E-01 a      1165     0    49     1    13
  1.0377711739073789E+00 a      1166     0    49     1    14
  1.2145115244618387E+00 a      1167     0    49     1    15
 -6.5329163855762917E-01 a      1168     0    49     1    16
 -1.3735051703143348E+00 a      1169     0    49     1    17
  8.4038923712428371E-01 a      1170     0    49     1    18
  1.3640218057544327E+00 a      1171     0    49     1    19
  1.3753077810945096E+00 a      1172     0    49     1    20
 -6.7127710685399578E-01 a      1173     0    49     1    21
 -1.9728150189263083E+00 a      1174     0    49     1    22
  3.7144723463533963E-01 a      1175     0    49     1    23
 -5.6585186979568969E-01 a      1176     0    49     1    24
  4.6294909933151746E-02 a      1177     0    50     1     1
  5.3341460461705703E-01 a      1178     0    50     1     2
 -5.8227497254011984E-01 a      1179     0    50     1     3
  7.0432561986794359E-02 a      1180     0    50     1     4
 -4.5963447590293566E-01 a      1181     0    50     1     5
  8.7479091129516809E-02 a      1182     0    50     1     6
 -2.0605222101395267E-02 a      1183     0    50     1     7
  2.7069633344795213E-01 a      1184     0    50     1     8
 -3.7664994461225476E-01 a      1185     0    50     1     9
  4.7052298569941253E-01 a      1186     0    50     1    10
  2.9257648243533280E-01 a      1187     0    50     1    11
  4.0906410131595988E-01 a      1188     0    50     1    12
  1.1394237458995065E+00 a      1189     0    50     1    13
  2.4080340289313809E-01 a      1190     0    50     1    14
  1.8165844352211219E-01 a      1191     0    50     1    15
 -1.0041427569605688E-01 a      1192     0    50     1    16
 -1.0376167342679075E+00 a      1193     0    50     1    17
 -4.9963865999063467E-01 a      1194     0    50     1    18
 -1.3612355550372260E-01 a      1195     0    50     1    19
  7.0376400349934942E-01 a      1196     0    50     1    20
  1.0073391267224473E-01 a      1197     0    50     1    21
 -1.4933372391681685E+00 a      1198     0    50     1    22
 -6.8047837864955898E-02 a      1199     0    50     1    23
 -8.2768952936690662E-02 a      1200     0    50     1    24
 -1.9502297143078459E-01 a      1201     0    51     1     1
 -3.7515825308333348E-02 a      1202     0    51     1     2
  1.1563600497031710E+00 a      1203     0    51     1     3
  1.1392960675308599E+00 a      1204     0    51     1     4
  2.4213880002045838E+00 a      1205     0    51     1     5
  1.0232409481063622E+00 a      1206     0    51     1     6
  3.2954539397308955E+00 a      1207     0    51     1     7
  1.2578948579759595E+00 a      1208     0    51     1     8
  1.5787689970955396E+00 a      1209     0    51     1     9
 -2.1903308587775228E+00 a      1210     0    51     1    10
 -1.7067706461608703E+00 a      1211     0    51     1    11
  1.5008781366710597E+00 a      1212     0    51     1    12
 -1.3578453637642347E+00 a      1213     0    51     1    13
 -1.1257328611239457E+00 a      1214     0    51     1    14
  1.3095625127016417E+00 a      1215     0    51     1    15
  1.1986884459269713E+00 a      1216     0    51     1    16
 -7.7993741815372664E-01 a      1217     0    51     1    17
 -1.3911212839305336E+00 a      1218     0    51     1    18
  9.8453238815436128E-01 a      1219     0    51     1    19
 -6.9174498004098528E-01 a      1220     0    51     1    20
  2.8326575193740897E+00 a      1221     0    51     1    21
  7.8972323294514191E-01 a      1222     0    51     1    22
 -8.1107181689308827E-01 a      1223     0    51     1    23
 -9.1601712635478338E-01 a      1224     0    51     1    24
  3.6183338856045322E-01 a      1225     0    52     1     1
  6.3782777513279578E+00 a      1226     0    52     1     2
 -6.4744776863694431E-01 a      1227     0    52     1     3
  2.2833135979798322E-01 a      1228     0    52     1     4
 -6.6516846399680030E-01 a      1229     0    52     1     5
 -3.4034565011346083E+00 a      1230     0    52     1     6
  1.4494556989822951E+00 a      1231     0    52     1     7
 -4.7692179194682556E+00 a      1232     0    52     1     8
 -4.0644110850778636E-01 a      1233     0    52     1     9
 -3.9380187306895392E-01 a      1234     0    52     1    10
  2.2639803873580139E-01 a      1235     0    52     1    11
  2.7069868101763279E+00 a      1236     0    52     1    12
  3.1369826096985172E+00 a      1237     0    52     1    13
 -2.8722416678185350E+00 a      1238     0    52     1    14
 -2.2112199643512964E+00 a      1239     0    52     1    15
 -2.3173899672571174E+00 a      1240     0    52     1    16
  3.9436486883203434E+00 a      1241     0    52     1    17
  1.0541242047736230E+00 a      1242     0    52     1    18
 -4.7086327602127902E+00 a      1243     0    52     1    19
  2.3345931180118380E+00 a      1244     0    52     1    20
 -1.2347164929308121E+00 a      1245     0    52     1    21
 -3.8160476328724671E-02 a      1246     0    52     1    22
 -5.3114102200828084E-01 a      1247     0    52     1    23
  1.4138939454513044E+00 a      1248     0    52     1    24
 -9.9293177946165445E-01 a      1249     0    53     1     1
  2.7386482558935848E-01 a      1250     0    53     1     2
 -1.0740860825411702E+00 a      1251     0    53     1     3
  1.8560314000561229E+00 a      1252     0    53     1     4
  6.5715145555914301E-01 a      1253     0    53     1     5
 -3.4618989892387858E-01 a      1254     0    53     1     6
 -6.0822026699144516E-01 a      1255     0    53     1     7
 -2.3405332249091515E+00 a      1256     0    53     1     8
  9.4344139669376798E-02 a      1257     0    53     1     9
  9.6707470672996593E-02 a      1258     0    53     1    10
 -2.1199776106569574E+00 a      1259     0    53     1    11
 -1.7005024691697365E-01 a      1260     0    53     1    12
  2.0337191829972174E+00 a      1261     0    53     1    13
  2.3204462155938317E+00 a      1262     0    53     1    14
  2.4992432900717603E+00 a      1263     0    53     1    15
  1.5669530575162709E+00 a      1264     0    53     1    16
 -8.6806425394554199E-01 a      1265     0    53     1    17
 -6.1843666846134604E-01 a      1266     0    53     1    18
 -2.2622829259786177E+00 a      1267     0    53     1    19
  2.2649137005104465E+00 a      1268     0    53     1    20
  1.2165791057127255E-01 a      1269     0    53     1    21
 -3.2518426955096497E-01 a      1270     0    53     1    22
  3.0720897033681771E+00 a      1271     0    53     1    23
 -2.0623438355005286E-01 a      1272     0    53     1    24
  5.6851364612482591E+00 a      1273     0    54     1     1
 -3.5462959182241816E-01 a      1274     0    54     1     2
 -2.8922790557401452E+00 a      1275     0    54     1     3
 -2.9486707529573724E+00 a      1276     0    54     1     4
  7.2740032371482877E-01 a      1277     0    54     1     5
 -1.2281954197363465E+00 a      1278     0    54     1     6
 -7.1145062619780450E+00 a      1279     0    54     1     7
  2.3023365386319385E+00 a      1280     0    54     1     8
 -1.8166658435323950E+00 a      1281     0    54     1     9
 -6.5866993925340378E-01 a      1282     0    54     1    10
  3.2566045533558050E+00 a      1283     0    54     1    11
 -4.3445213065616830E+00 a      1284     0    54     1    12
 -1.4427309702115412E-01 a      1285     0    54     1    13
 -3.6007179307334503E+00 a      1286     0    54     1    14
 -2.5712755442840050E+00 a      1287     0    54     1    15
 -3.0338689003928510E+00 a      1288     0    54     1    16
 -2.2227800098864319E+00 a      1289     0    54     1    17
  6.8480666528476446E+00 a      1290     0    54     1    18
  2.5573727595594642E+00 a      1291     0    54     1    19
  5.3409629602877029E-01 a      1292     0    54     1    20
 -5.9124926927711670E+00 a      1293     0    54     1    21
 -1.7958604939877976E+00 a      1294     0    54     1    22
 -1.7698670959047051E+00 a      1295     0    54     1    23
  2.5719941281267960E+00 a      1296     0    54     1    24
 -2.5704565907095982E+00 a      1297     0    55     1     1
 -2.0754927278117079E+00 a      1298     0    55     1     2
 -7.1798608597530855E-01 a      1299     0    55     1     3
 -2.1500168043841148E+00 a      1300     0    55     1     4
 -2.3703091786934527E+00 a      1301     0    55     1     5
  5.8885429249368926E-01 a      1302     0    55     1     6
 -2.5395637122368111E+00 a      1303     0    55     1     7
  9.0676453703734416E-01 a      1304     0    55     1     8
 -2.7124697306762662E+00 a      1305     0    55     1     9
  3.0216875684307518E+00 a      1306     0    55     1    10
  3.3090496000277994E+00 a      1307     0    55     1    11
 -1.7602017549420359E+00 a      1308     0    55     1    12
  3.3519306066165404E+00 a      1309     0    55     1    13
  2.3549899123529636E+00 a      1310     0    55     1    14
 -1.7962500219470436E+00 a      1311     0    55     1    15
 -5.1777397623278787E-01 a      1312     0    55     1    16
  3.8670528335066305E+00 a      1313     0    55     1    17
 -3.1376038809885327E+00 a      1314     0    55     1    18
  2.8729049563778897E-01 a      1315     0    55     1    19
 -4.7355696633535407E-03 a      1316     0    55     1    20
  3.0410242925448907E+00 a      1317     0    55     1    21
  8.5896464910848824E-01 a      1318     0    55     1    22
  1.7198749571227008E+00 a      1319     0    55     1    23
 -3.3197381339611653E-01 a      1320     0    55     1    24
  8.8252389201548626E-02 a      1321     0    56     1     1
  2.4216816072527689E+00 a      1322     0    56     1     2
  2.5650271466508912E+00 a      1323     0    56     1     3
  6.1738518679193544E-01 a      1324     0    56     1     4
  5.4484106763003505E-02 a      1325     0    56     1     5
  1.1335886096880152E+00 a      1326     0    56     1     6
  2.8204357531704547E+00 a      1327     0    56     1     7
  2.7823022013049838E+00 a      1328     0    56     1     8
 -1.0516514721463935E-01 a      1329     0    56     1     9
  4.5873488847912514E-01 a      1330     0    56     1    10
 -1.7066468376080354E-01 a      1331     0    56     1    11
  3.7383871451225401E+00 a      1332     0    56     1    12
 -1.7139706135282637E+00 a      1333     0    56     1    13
 -1.0143518070939084E+00 a      1334     0    56     1    14
 -2.1963935373608741E+00 a      1335     0    56     1    15
 -1.0246464819418771E-01 a      1336     0    56     1    16
  3.5910326798043135E+00 a      1337     0    56     1    17
  4.0478212776874989E-01 a      1338     0    56     1    18
  2.1770251346116458E+00 a      1339     0    56     1    19
 -6.1704010982925550E-01 a      1340     0    56     1    20
  2.9161050771057249E+00 a      1341     0    56     1    21
  3.6604878177152353E+00 a      1342     0    56     1    22
 -1.8715187965991031E+00 a      1343     0    56     1    23
 -1.4062183568166997E+00 a      1344     0    56     1    24
  3.4942633468599302E+00 a      1345     0    57     1     1
  7.6011907058222347E-02 a      1346     0    57     1     2
  7.7009142326973254E+00 a      1347     0    57     1     3
  3.5836953955777378E+00 a      1348     0    57     1     4
 -2.7315868660476763E+00 a      1349     0    57     1     5
  1.6093922528296538E+00 a      1350     0    57     1     6
  4.2892922175181329E+00 a      1351     0    57     1     7
 -7.3789380554229111E-01 a      1352     0    57     1     8
 -2.6438082523857633E+00 a      1353     0    57     1     9
  6.2883157840299662E+00 a      1354     0    57     1    10
  1.0997338110667936E+01 a      1355     0    57     1    11
 -1.4791757327754238E+00 a      1356     0    57     1    12
 -1.3163469798700944E+00 a      1357     0    57     1    13
 -2.7142696307124042E-01 a      1358     0    57     1    14
 -2.7476428891846170E+00 a      1359     0    57     1    15
  6.2304354741804149E+00 a      1360     0    57     1    16
  1.6990362942761596E+01 a      1361     0    57     1    17
  9.0613935302403070E-01 a      1362     0    57     1    18
  4.8206431109858778E+00 a      1363     0    57     1    19
  2.0917753907652439E+00 a      1364     0    57     1    20
 -1.1870105971924229E-01 a      1365     0    57     1    21
  9.8250547698049999E+00 a      1366     0    57     1    22
 -4.1840814121245096E+00 a      1367     0    57     1    23
  2.3409435179739149E-01 a      1368     0    57     1    24
  4.5645215730321205E+00 a      1369     0    58     1     1
 -5.1624221719860874E-01 a      1370     0    58     1     2
 -2.5066823152992916E+00 a      1371     0    58     1     3
 -3.1898435029719039E+00 a      1372     0    58     1     4
 -4.2300740525514726E+00 a      1373     0    58     1     5
  3.9379138354548304E-01 a      1374     0    58     1     6
 -1.5897209125966139E+00 a      1375     0    58     1     7
 -1.7194938725163109E+00 a      1376     0    58     1     8
 -5.2846510476185786E+00 a      1377     0    58     1     9
  2.3268349387235814E+00 a      1378     0    58     1    10
  6.1414547161544109E-01 a      1379     0    58     1    11
 -2.3500440593338614E+00 a      1380     0    58     1    12
  7.0030167391764273E+00 a      1381     0    58     1    13
 -2.1573160289971729E+00 a      1382     0    58     1    14
 -3.2395465355046240E+00 a      1383     0    58     1    15
 -2.3544674257156579E+00 a      1384     0    58     1    16
 -2.6612026584132193E+00 a      1385     0    58     1    17
 -2.9104041686421818E+00 a      1386     0    58     1    18
  1.7846828319920363E+00 a      1387     0    58     1    19
  1.4918274313845461E+00 a      1388     0    58     1    20
 -2.1240542558301319E+00 a      1389     0    58     1    21
 -2.9923358821216475E+00 a      1390     0    58     1    22
 -5.3950415155070930E+00 a      1391     0    58     1    23
  1.6561473406665856E+00 a      1392     0    58     1    24
 -1.5116529348606846E+00 a      1393     0    59     1     1
 -1.1176394348568905E+00 a      1394     0    59     1     2
 -3.9395186104125832E+00 a      1395     0    59     1     3
  5.7422805817948619E-01 a      1396     0    59     1     4
  8.1686343135313022E-01 a      1397     0    59     1     5
  7.5309671668181091E+00 a      1398     0    59     1     6
  2.8069679655728592E+00 a      1399     0    59     1     7
  8.0373983230108359E-01 a      1400     0    59     1     8
 -2.2969330437082891E+00 a      1401     0    59     1     9
  1.9778964765602971E+00 a      1402     0    59     1    10
 -5.2401478749063850E+00 a      1403     0    59     1    11
 -6.0712885908924861E+00 a      1404     0    59     1    12
  6.3617527872330246E+00 a      1405     0    59     1    13
 -7.7177479745732889E+00 a      1406     0    59     1    14
  1.4394119093557303E-01 a      1407     0    59     1    15
 -3.9284991451267306E+00 a      1408     0    59     1    16
  3.6701975521053125E+00 a      1409     0    59     1    17
  5.1042503589312718E+00 a      1410     0    59     1    18
  8.6901137096211496E+00 a      1411     0    59     1    19
  2.0559802825246001E+00 a      1412     0    59     1    20
 -5.6514293960105375E+00 a      1413     0    59     1    21
 -8.8945544861925385E-01 a      1414     0    59     1    22
 -3.4003507084348286E+00 a      1415     0    59     1    23
  3.2398356743897079E+00 a      1416     0    59     1    24
  8.1156963614094399E-02 a      1417     0    60     1     1
  3.0189308338982740E-01 a      1418     0    60     1     2
  3.7602932776198830E+00 a      1419     0    60     1     3
  5.8213393177431827E-01 a      1420     0    60     1     4
 -2.3135137320612609E+00 a      1421     0    60     1     5
 -2.3866153761245053E+00 a      1422     0    60     1     6
  3.5488276890622833E-01 a      1423     0    60     1     7
 -2.1359696840783515E+00 a      1424     0    60     1     8
  1.5327768100806478E+00 a      1425     0    60     1     9
  1.0458236523251339E+00 a      1426     0    60     1    10
 -2.3530509910511128E+00 a      1427     0    60     1    11
  1.0103717150721609E+00 a      1428     0    60     1    12
 -1.4249790028232556E+00 a      1429     0    60     1    13
  2.2470150763911532E+00 a      1430     0    60     1    14
  4.4292413405480374E-01 a      1431     0    60     1    15
  3.0147095479535411E+00 a      1432     0    60     1    16
 -1.5193718434188346E+00 a      1433     0    60     1    17
 -1.8066961255776642E-01 a      1434     0    60     1    18
 -3.4148191823476575E+00 a      1435     0    60     1    19
 -1.5942382940251970E-01 a      1436     0    60     1    20
  1.8012067052215313E+00 a      1437     0    60     1    21
  2.0515876737140539E+00 a      1438     0    60     1    22
 -2.8744483436363684E+00 a      1439     0    60     1    23
 -1.8791675517274504E+00 a      1440     0    60     1    24
  4.2210386632523716E-01 a      1441     0    61     1     1
  1.4264867725709771E-02 a      1442     0    61     1     2
  3.3308266572564778E+00 a      1443     0    61     1     3
  7.6274051322983805E-01 a      1444     0    61     1     4
 -7.8417819539037881E-01 a      1445     0    61     1     5
 -3.9522955850458202E-01 a      1446     0    61     1     6
  8.3220346649711097E-01 a      1447     0    61     1     7
 -1.4989887031144764E+00 a      1448     0    61     1     8
 -1.2583335464566090E+00 a      1449     0    61     1     9
  1.0539819069436747E+00 a      1450     0    61     1    10
 -1.9445698600789201E+00 a      1451     0    61     1    11
  2.8491716621920510E-01 a      1452     0    61     1    12
 -3.0600761456602610E-01 a      1453     0    61     1    13
  1.3276571188174262E+00 a      1454     0    61     1    14
  8.9992753889363564E-01 a      1455     0    61     1    15
  5.6368293026588534E-01 a      1456     0    61     1    16
  1.8630738013510115E-01 a      1457     0    61     1    17
 -3.3574913367786519E-01 a      1458     0    61     1    18
 -5.1243771983861985E-01 a      1459     0    61     1    19
  1.4383438977863627E-01 a      1460     0    61     1    20
  9.4898269915390188E-01 a      1461     0    61     1    21
  6.9265502515555211E-01 a      1462     0    61     1    22
 -4.0052791508529489E-01 a      1463     0    61     1    23
 -6.5953524371553629E-01 a      1464     0    61     1    24
 -3.9996432310817718E+00 a      1465     0    62     1     1
 -2.6741807495334302E+00 a      1466     0    62     1     2
  3.4759323857298785E+00 a      1467     0    62     1     3
  3.3829350947413959E+00 a      1468     0    62     1     4
 -2.1059307407534016E+00 a      1469     0    62     1     5
 -2.2304171439274674E+00 a      1470     0    62     1     6
  2.4064187521525540E+00 a      1471     0    62     1     7
  1.8334796699433300E+00 a      1472     0    62     1     8
  3.2154012501857667E+00 a      1473     0    62     1     9
 -2.2377081189644747E+00 a      1474     0    62     1    10
 -2.8490417407535755E+00 a      1475     0    62     1    11
  2.0490877424610135E-01 a      1476     0    62     1    12
 -5.2166275237166051E+00 a      1477     0    62     1    13
  6.9940216765837848E-01 a      1478     0    62     1    14
  3.3509553084080754E+00 a      1479     0    62     1    15
  3.8632690473653336E-01 a      1480     0    62     1    16
  8.4285385348454089E-01 a      1481     0    62     1    17
  2.4792827897275469E+00 a      1482     0    62     1    18
 -2.7850991624783455E-01 a      1483     0    62     1    19
  8.9073877776238575E-01 a      1484     0    62     1    20
  1.5552023589784856E+00 a      1485     0    62     1    21
  1.9500070031507872E+00 a      1486     0    62     1    22
  3.2493505661648681E+00 a      1487     0    62     1    23
  5.9091187308487403E-01 a      1488     0    62     1    24
 -3.6576294057106407E-01 a      1489     0    63     1     1
 -7.2029958024644403E-01 a      1490     0    63     1     2
  3.6107312620865240E-01 a      1491     0    63     1     3
 -2.4067986057305601E-01 a      1492     0    63     1     4
 -2.3407701103567722E+00 a      1493     0    63     1     5
 -1.1142246889867307E+00 a      1494     0    63     1     6
 -3.5076398260082609E-01 a      1495     0    63     1     7
 -3.2176089588106055E-01 a      1496     0    63     1     8
 -9.0267191736606178E-01 a      1497     0    63     1     9
 -1.1995487900141417E+00 a      1498     0    63     1    10
 -1.3607518698036032E+00 a      1499     0    63     1    11
 -2.4660563768431554E-01 a      1500     0    63     1    12
  4.0398592939268901E-01 a      1501     0    63     1    13
 -4.8731747657465402E-01 a      1502     0    63     1    14
  3.2703864003654692E-01 a      1503     0    63     1    15
  2.8381487755282014E-01 a      1504     0    63     1    16
  2.7304191627633684E-01 a      1505     0    63     1    17
  2.2911247510477026E+00 a      1506     0    63     1    18
 -1.1840224551466854E+00 a      1507     0    63     1    19
 -8.7962961549179230E-01 a      1508     0    63     1    20
 -5.8419947649530679E-01 a      1509     0    63     1    21
  1.1712204251119831E+00 a      1510     0    63     1    22
  9.1225336499647580E-01 a      1511     0    63     1    23
  1.8580741533211620E+00 a      1512     0    63     1    24
 -3.3958946345169796E+00 a      1513     0    64     1     1
  5.6823461029027778E-01 a      1514     0    64     1     2
 -9.0918547430335899E+00 a      1515     0    64     1     3
 -2.7805981887498441E+00 a      1516     0    64     1     4
 -1.6859846315372184E+00 a      1517     0    64     1     5
 -4.4975599525212360E+00 a      1518     0    64     1     6
 -2.7378637147910121E+00 a      1519     0    64     1     7
 -1.0403881572700462E+00 a      1520     0    64     1     8
 -1.6093728625242057E-01 a      1521     0    64     1     9
 -5.5625987178784619E+00 a      1522     0    64     1    10
 -3.4832788039482137E+00 a      1523     0    64     1    11
  6.0846723361972922E-02 a      1524     0    64     1    12
 -5.1192069051797273E-01 a      1525     0    64     1    13
 -2.0235970424337162E+00 a      1526     0    64     1    14
 -2.7631912435186496E+00 a      1527     0    64     1    15
 -3.2538088865225352E+00 a      1528     0    64     1    16
 -4.0851130026935483E+00 a      1529     0    64     1    17
  1.7943200693417032E+00 a      1530     0    64     1    18
 -1.6921711673536479E+00 a      1531     0    64     1    19
 -1.8447216604565611E+00 a      1532     0    64     1    20
 -4.2036776301717076E+00 a      1533     0    64     1    21
 -2.0950632309782027E-01 a      1534     0    64     1    22
  1.6215826031796461E+00 a      1535     0    64     1    23
  1.7392623810194638E+00 a      1536     0    64     1    24
 -1.2219033917766219E-01 b      1537     1     1
  4.2597188254398627E-01 b      1538     1     2
  9.4375563741991936E-02 b      1539     1     3
  4.0773524489961122E-01 b      1540     1     4
  1.6381218251105625E-01 b      1541     1     5
  6.7657456989357642E-02 b      1542     1     6
 -2.3728021978974975E-01 b      1543     1     7
  4.3710369240164210E-01 b      1544     1     8
  1.0145688557532141E-01 b      1545     1     9
  1.8328874343113777E-01 b      1546     1    10
  2.0019922987410210E-01 b      1547     1    11
  5.4182715874254869E-02 b      1548     1    12
  4.8563132818501653E-01 b      1549     1    13
  6.1126839612485429E-01 b      1550     1    14
 -9.0493900885020642E-03 b      1551     1    15
  7.0414930605443349E-01 b      1552     1    16
  4.0160830481104914E-02 b      1553     1    17
 -2.1832822414927091E-02 b      1554     1    18
  2.8810249387485559E-01 b      1555     1    19
  4.5487538923345908E-02 b      1556     1    20
 -4.6972117041846305E-02 b      1557     1    21
  1.4091753903807905E-01 b      1558     1    22
  5.0374357875939149E-02 b      1559     1    23
  3.1012687608583850E-01 b      1560     1    24
  6.7794096153427119E-01 a      1561     1     1     2     1
  2.6237843302427989E-02 a      1562     1     1     2     2
  1.2309824268759897E+00 a      1563     1     1     2     3
 -3.8427340276315863E-01 a      1564     1     1     2     4
 -1.5282153588506528E+00 a      1565     1     1     2     5
  1.8016726749610503E+00 a      1566     1     1     2     6
  1.1673792159636633E-01 a      1567     1     1     2     7
 -7.7574567179196674E-01 a      1568     1     1     2     8
  1.2997419590997875E-01 a      1569     1     1     2     9
  3.4602210413501649E-01 a      1570     1     1     2    10
 -7.2463160402455662E-01 a      1571     1     1     2    11
 -6.4512761799932161E-01 a      1572     1     1     2    12
 -8.7721380479020405E-01 a      1573     1     1     2    13
  1.1328443018843544E+00 a      1574     1     1     2    14
 -1.3703137060471744E+00 a      1575     1     1     2    15
  3.9081560922461939E-01 a      1576     1     1     2    16
 -9.2958134844065943E-01 a      1577     1     1     2    17
 -3.7817839249126836E-02 a      1578     1     1     2    18
  1.2507610884939662E+00 a      1579     1     1     2    19
 -8.0714701282247181E-01 a      1580     1     1     2    20
  1.1788823431714295E+00 a      1581     1     1     2    21
 -2.2770499795018342E+00 a      1582     1     1     2    22
  4.8324212481697389E-02 a      1583     1     1     2    23
  7.5223684824298642E-02 a      1584     1     1     2    24
 -4.4753494927915349E-01 a      1585     1     2     2     1
 -9.7666541692808839E-01 a      1586     1     2     2     2
  3.2906422188203860E-01 a      1587     1     2     2     3
  4.7128261816721434E-01 a      1588     1     2     2     4
 -1.0414298916469128E-01 a      1589     1     2     2     5
 -1.6328978266293226E+00 a      1590     1     2     2     6
  4.5384494005775905E-01 a      1591     1     2     2     7
  3.1452825384656293E+00 a      1592     1     2     2     8
 -8.7340658209617639E-01 a      1593     1     2     2     9
 -9.7961396002227774E-01 a      1594     1     2     2    10
  1.6573462690715962E-01 a      1595     1     2     2    11
 -7.7115887779763437E-01 a      1596     1     2     2    12
  4.7418664102091018E-01 a      1597     1     2     2    13
 -1.3104782430522983E+00 a      1598     1     2     2    14
  5.2046797246319065E-01 a      1599     1     2     2    15
  1.1037636087158456E-01 a      1600     1     2     2    16
  1.9146892929221451E+00 a      1601     1     2     2    17
  1.1063935473373434E+00 a      1602     1     2     2    18
  1.4028403712082889E+00 a      1603     1     2     2    19
  2.7370992471856241E+00 a      1604     1     2     2    20
 -1.5125292827328116E-02 a      1605     1     2     2    21
 -6.6410582347833658E-01 a      1606     1     2     2    22
  1.0143040273503672E+00 a      1607     1     2     2    23
  1.4662677416759511E+00 a      1608     1     2     2    24
 -4.4993415642457701E-01 a      1609     1     3     2     1
 -3.6460872526349963E-01 a      1610     1     3     2     2
 -1.0135709180021859E+00 a      1611     1     3     2     3
 -1.8622980561542923E-01 a      1612     1     3     2     4
 -3.1199630628104291E-01 a      1613     1     3     2     5
 -4.3956086222645918E-01 a      1614     1     3     2     6
 -4.1932308825499953E-01 a      1615     1     3     2     7
 -2.0070994442889387E+00 a      1616     1     3     2     8
 -5.1673370751740610E-01 a      1617     1     3     2     9
 -3.3803253442872155E-01 a      1618     1     3     2    10
  6.3431787319770550E-01 a      1619     1     3     2    11
  2.9460857618954189E-01 a      1620     1     3     2    12
 -3.0950351843793888E-01 a      1621     1     3     2    13
 -1.7499687838831255E+00 a      1622     1     3     2    14
  2.7889659965839781E+00 a      1623     1     3     2    15
  3.3696982697295413E-01 a      1624     1     3     2    16
  1.0832952201288359E+00 a      1625     1     3     2    17
  2.4373142442362095E-01 a      1626     1     3     2    18
 -8.4826384129455901E-01 a      1627     1     3     2    19
