################################################################################
# Neural network connection values (weights and biases).
################################################################################
# Col  Name       Description
################################################################################
# 1    connection Neural network connection value.
# 2    t          Connection type (a = weight, b = bias).
# 3    index      Index enumerating weights.
# 4    l_s        Starting point layer (end point layer for biases).
# 5    n_s        Starting point neuron in starting layer (end point neuron for biases).
# 6    l_e        End point layer.
# 7    n_e        End point neuron in end layer.
################################################################################
#                      1 2         3     4     5     6     7
#             connection t     index   l_s   n_s   l_e   n_e
############################################################
  4.5044891601719872E+00 a         1     0     1     1     1
 -1.9996705482907928E+00 a         2     0     1     1     2
 -1.5486973660497771E+00 a         3     0     1     1     3
  1.3500927969374776E+00 a         4     0     1     1     4
 -1.0596334337024944E-01 a         5     0     1     1     5
  2.7919455322819142E+00 a         6     0     1     1     6
 -2.3886237830183852E+00 a         7     0     1     1     7
 -4.4928220807656523E+00 a         8     0     1     1     8
  5.0943276150727010E+00 a         9     0     1     1     9
 -1.0951154223833950E-01 a        10     0     1     1    10
  1.8423693998093519E-02 a        11     0     1     1    11
 -1.9769803976548699E+00 a        12     0     1     1    12
  1.2838074683753837E+00 a        13     0     1     1    13
  2.7071748935892476E-01 a        14     0     1     1    14
  2.1083759261504817E+00 a        15     0     1     1    15
 -7.1778876046223328E-01 a        16     0     1     1    16
  2.3716677464393263E+00 a        17     0     1     1    17
 -3.2908911643805250E+00 a        18     0     1     1    18
  5.2544468836861409E+00 a        19     0     1     1    19
  3.5386264888183150E+00 a        20     0     1     1    20
  1.8628889817422689E+00 a        21     0     1     1    21
 -8.1891426791919275E-01 a        22     0     1     1    22
 -3.6459075702976853E+00 a        23     0     1     1    23
 -4.8021693499458795E-01 a        24     0     1     1    24
 -6.3337620396302690E+00 a        25     0     2     1     1
 -1.5141364507912642E+00 a        26     0     2     1     2
  4.9439230282004551E+00 a        27     0     2     1     3
 -2.5237506947967110E+00 a        28     0     2     1     4
  9.8286413745425119E+00 a        29     0     2     1     5
 -5.0505528727352411E+00 a        30     0     2     1     6
  1.1189354127024146E+01 a        31     0     2     1     7
  3.3290937493708972E+00 a        32     0     2     1     8
 -5.4056120427214260E+00 a        33     0     2     1     9
  8.0867568132532242E+00 a        34     0     2     1    10
  7.9370712907852980E-01 a        35     0     2     1    11
  3.0666666065112813E-01 a        36     0     2     1    12
  5.0372616898221558E+00 a        37     0     2     1    13
 -1.0434053744386228E+01 a        38     0     2     1    14
  1.6495811122279693E+00 a        39     0     2     1    15
 -6.7805809741422864E+00 a        40     0     2     1    16
 -1.9047217163317793E+01 a        41     0     2     1    17
 -1.0210306819572516E+01 a        42     0     2     1    18
 -1.2651949663039154E+01 a        43     0     2     1    19
 -5.9869646626296180E-01 a        44     0     2     1    20
 -4.5289048525716868E+00 a        45     0     2     1    21
 -1.3311771267206407E+01 a        46     0     2     1    22
 -4.1069736488289443E+00 a        47     0     2     1    23
  9.9736825301028631E+00 a        48     0     2     1    24
  6.5330276417204196E+00 a        49     0     3     1     1
 -3.6760439467730852E+00 a        50     0     3     1     2
  1.4007385332787503E+00 a        51     0     3     1     3
  1.2836453863633519E+00 a        52     0     3     1     4
 -8.8548522364890268E+00 a        53     0     3     1     5
  4.8593991765978384E+00 a        54     0     3     1     6
 -8.8310316751603823E-01 a        55     0     3     1     7
 -2.5310980459197609E+01 a        56     0     3     1     8
  2.4067087207739122E+00 a        57     0     3     1     9
  5.3579456097887173E+00 a        58     0     3     1    10
  4.1975616738225163E-01 a        59     0     3     1    11
 -1.2943250891822741E+01 a        60     0     3     1    12
  4.6084598428106744E+00 a        61     0     3     1    13
 -2.3353698034797241E+00 a        62     0     3     1    14
  1.0850679985787600E+01 a        63     0     3     1    15
 -2.6242450893682121E+00 a        64     0     3     1    16
  7.7079604261812094E+00 a        65     0     3     1    17
 -1.6556761187787423E+01 a        66     0     3     1    18
 -4.0787827999354542E+00 a        67     0     3     1    19
 -2.9131931249806402E+00 a        68     0     3     1    20
 -2.2660997725706493E+00 a        69     0     3     1    21
 -5.6123273841712864E+00 a        70     0     3     1    22
 -2.7260751087035251E+00 a        71     0     3     1    23
 -6.6909436089695369E+00 a        72     0     3     1    24
  7.6182421246694121E+00 a        73     0     4     1     1
  2.2620931670753324E+00 a        74     0     4     1     2
 -6.8523066492572697E+00 a        75     0     4     1     3
  4.5532016344113933E+00 a        76     0     4     1     4
 -1.1530189139243166E+01 a        77     0     4     1     5
  3.0923490108581024E+00 a        78     0     4     1     6
 -1.0019618969079515E+01 a        79     0     4     1     7
 -6.0240446416607760E+00 a        80     0     4     1     8
  8.4707432927884216E+00 a        81     0     4     1     9
 -6.6601511037893495E+00 a        82     0     4     1    10
 -2.1335855922397567E-01 a        83     0     4     1    11
 -6.5936849420422072E-01 a        84     0     4     1    12
 -2.7083809178854605E+00 a        85     0     4     1    13
  1.2062144187270141E+01 a        86     0     4     1    14
 -4.8063548917246264E+00 a        87     0     4     1    15
  5.5258296980889146E+00 a        88     0     4     1    16
  2.3075407943136867E+01 a        89     0     4     1    17
  9.5772323350416926E+00 a        90     0     4     1    18
  7.9515916222307776E+00 a        91     0     4     1    19
  2.4977047306290392E+00 a        92     0     4     1    20
  2.5818202138381183E+00 a        93     0     4     1    21
  1.6990813807443594E+01 a        94     0     4     1    22
  6.3075227085128320E+00 a        95     0     4     1    23
 -1.0805869397655711E+01 a        96     0     4     1    24
 -3.4327062451923860E+00 a        97     0     5     1     1
  9.4192230947330238E+00 a        98     0     5     1     2
  1.3050502167285907E+00 a        99     0     5     1     3
 -2.3432085197807866E+00 a       100     0     5     1     4
  8.1588569805785198E+00 a       101     0     5     1     5
 -9.0626900221157207E+00 a       102     0     5     1     6
  4.3515777510290388E+00 a       103     0     5     1     7
  1.3204421305764077E+01 a       104     0     5     1     8
 -3.3134888218681885E-01 a       105     0     5     1     9
  1.6596581777646306E+00 a       106     0     5     1    10
 -1.9456007365853019E+00 a       107     0     5     1    11
  1.9189195686885387E+01 a       108     0     5     1    12
 -3.6337732877125144E+00 a       109     0     5     1    13
  1.2384966967671554E+01 a       110     0     5     1    14
 -6.3707647697714984E+00 a       111     0     5     1    15
  1.9592111953247506E+00 a       112     0     5     1    16
 -5.9986927217556412E+00 a       113     0     5     1    17
  5.7293296295579452E+00 a       114     0     5     1    18
  4.8930875692486714E-01 a       115     0     5     1    19
  4.5283315782547628E+00 a       116     0     5     1    20
  8.8911986509489136E+00 a       117     0     5     1    21
  6.6419152692227543E+00 a       118     0     5     1    22
  2.1074361137455799E+00 a       119     0     5     1    23
  1.9171091647151883E+00 a       120     0     5     1    24
 -2.8522210879049581E+00 a       121     0     6     1     1
  1.0425972748486465E+00 a       122     0     6     1     2
  2.4223975441857797E+00 a       123     0     6     1     3
 -1.1235846212003247E+00 a       124     0     6     1     4
 -6.7769910532002664E-01 a       125     0     6     1     5
 -9.2898728236657580E-01 a       126     0     6     1     6
 -3.5581350497089592E-01 a       127     0     6     1     7
  3.0668442147679209E+00 a       128     0     6     1     8
 -6.8622422002529913E+00 a       129     0     6     1     9
  1.7055376192896574E+00 a       130     0     6     1    10
 -1.8006234384375166E+00 a       131     0     6     1    11
 -1.0885329596545070E+00 a       132     0     6     1    12
  1.5151547527327927E+00 a       133     0     6     1    13
  3.2716965475952686E-01 a       134     0     6     1    14
  4.5000133242081963E-01 a       135     0     6     1    15
 -1.1057338799604464E+00 a       136     0     6     1    16
 -8.6823188209266799E-01 a       137     0     6     1    17
  3.8817707423744499E+00 a       138     0     6     1    18
 -2.2924532368790542E+00 a       139     0     6     1    19
 -3.4461980603436049E-01 a       140     0     6     1    20
 -2.8029664215012691E+00 a       141     0     6     1    21
 -9.3318553485707056E-01 a       142     0     6     1    22
  1.5904705486396296E+00 a       143     0     6     1    23
  4.2320007031482854E-01 a       144     0     6     1    24
 -2.1510981214254179E+00 a       145     0     7     1     1
 -1.2592969396078701E+00 a       146     0     7     1     2
  1.9627130971173887E+00 a       147     0     7     1     3
 -1.9227834836501816E+00 a       148     0     7     1     4
  2.7778836446841106E+00 a       149     0     7     1     5
  1.1545549190059479E+00 a       150     0     7     1     6
  1.3689294836390289E+00 a       151     0     7     1     7
  3.5552918067869217E+00 a       152     0     7     1     8
 -4.9680376121709022E+00 a       153     0     7     1     9
  1.6496725297602071E+00 a       154     0     7     1    10
 -6.6810640072048166E-01 a       155     0     7     1    11
 -8.1091423451872846E-01 a       156     0     7     1    12
  9.9806519538311578E-01 a       157     0     7     1    13
 -4.0060790260265531E+00 a       158     0     7     1    14
  1.9924828952293758E+00 a       159     0     7     1    15
 -1.9790588178092723E+00 a       160     0     7     1    16
 -7.0449737290370589E+00 a       161     0     7     1    17
 -2.2080333355317672E+00 a       162     0     7     1    18
  1.0951385141451777E+00 a       163     0     7     1    19
 -4.9804566441847331E-01 a       164     0     7     1    20
 -4.1095324087969709E-01 a       165     0     7     1    21
 -5.8061831304443734E+00 a       166     0     7     1    22
 -1.9885644995501650E+00 a       167     0     7     1    23
  1.9344092850652952E+00 a       168     0     7     1    24
 -1.0204178947659180E-01 a       169     0     8     1     1
 -2.7665815847972977E+00 a       170     0     8     1     2
 -1.5921158048586175E+00 a       171     0     8     1     3
  8.6131208914042112E-01 a       172     0     8     1     4
 -2.9128774995976725E+00 a       173     0     8     1     5
  1.8435622063164248E+00 a       174     0     8     1     6
 -3.3255764882615413E+00 a       175     0     8     1     7
  2.0289838470209172E+00 a       176     0     8     1     8
 -9.5922419271606996E-01 a       177     0     8     1     9
 -3.0294417257906674E+00 a       178     0     8     1    10
  7.2613407472477065E-01 a       179     0     8     1    11
 -5.0949944243804755E+00 a       180     0     8     1    12
 -2.3033352096952192E-01 a       181     0     8     1    13
 -4.3948537608524632E+00 a       182     0     8     1    14
 -1.6071796593309322E+00 a       183     0     8     1    15
  8.1605714463110468E-01 a       184     0     8     1    16
 -9.3446501311912922E-01 a       185     0     8     1    17
  2.4154598171881858E+00 a       186     0     8     1    18
  3.8158873583790831E-01 a       187     0     8     1    19
 -1.1399559042901499E+00 a       188     0     8     1    20
 -4.0928080410347949E+00 a       189     0     8     1    21
 -2.0888429472487200E+00 a       190     0     8     1    22
  3.4691600354120611E-01 a       191     0     8     1    23
 -2.6352238072490142E-02 a       192     0     8     1    24
  1.5046679775172860E+00 a       193     0     9     1     1
  1.0055961145190330E-01 a       194     0     9     1     2
 -8.9588508406475165E-01 a       195     0     9     1     3
 -1.3077025737419051E-01 a       196     0     9     1     4
  1.9470638026055472E-02 a       197     0     9     1     5
 -2.8333293880643534E-01 a       198     0     9     1     6
  8.4976769217760173E-01 a       199     0     9     1     7
 -1.1742538214843699E+00 a       200     0     9     1     8
  3.1555048244560449E+00 a       201     0     9     1     9
 -6.1266380624872885E-01 a       202     0     9     1    10
  1.1216106370740950E+00 a       203     0     9     1    11
  1.2124254873801508E+00 a       204     0     9     1    12
 -1.2409468209038323E+00 a       205     0     9     1    13
  2.4211557888233672E-02 a       206     0     9     1    14
 -1.4485226034511050E+00 a       207     0     9     1    15
  9.3122965013206671E-01 a       208     0     9     1    16
  3.4092779428678305E-01 a       209     0     9     1    17
 -1.7049762721525068E+00 a       210     0     9     1    18
 -6.4819607129080206E-02 a       211     0     9     1    19
 -4.9478999274432128E-01 a       212     0     9     1    20
  1.5579102066399819E+00 a       213     0     9     1    21
  7.1768554491097314E-01 a       214     0     9     1    22
 -5.6292038031986458E-01 a       215     0     9     1    23
 -6.6605075084086462E-01 a       216     0     9     1    24
 -1.0579780295282601E+01 a       217     0    10     1     1
  1.9719632602313213E+00 a       218     0    10     1     2
  3.9568864954301768E+00 a       219     0    10     1     3
  1.2933146016927441E+01 a       220     0    10     1     4
  1.3794720885003142E+00 a       221     0    10     1     5
 -2.8080007307399222E+00 a       222     0    10     1     6
  4.0007527748224430E+00 a       223     0    10     1     7
 -4.6790885720785411E+00 a       224     0    10     1     8
 -6.5410971643454818E+00 a       225     0    10     1     9
 -8.9535826790479849E+00 a       226     0    10     1    10
  3.1248332311377163E+00 a       227     0    10     1    11
  1.8092292912352235E+01 a       228     0    10     1    12
 -1.1646734123025661E+01 a       229     0    10     1    13
  2.7770687935526008E+00 a       230     0    10     1    14
 -4.1286681943203094E+00 a       231     0    10     1    15
  2.8196067751218519E+00 a       232     0    10     1    16
 -2.3087388832587397E+01 a       233     0    10     1    17
 -3.5300842647435311E+00 a       234     0    10     1    18
 -7.1261175253127833E+00 a       235     0    10     1    19
 -1.2201340254773752E+01 a       236     0    10     1    20
 -5.0869609285787387E+00 a       237     0    10     1    21
  3.3396872969369915E+00 a       238     0    10     1    22
  1.1564110225921866E+01 a       239     0    10     1    23
 -3.4316565690619188E-01 a       240     0    10     1    24
 -4.7210108939424931E+00 a       241     0    11     1     1
  5.6782934057095948E+00 a       242     0    11     1     2
 -3.1612553127101064E+00 a       243     0    11     1     3
 -2.2981683777589836E+00 a       244     0    11     1     4
 -8.4247547487839629E+00 a       245     0    11     1     5
  4.1354527223336168E+00 a       246     0    11     1     6
 -1.0848735791384474E+01 a       247     0    11     1     7
 -6.9372537068897557E+00 a       248     0    11     1     8
  1.6443031927620950E+00 a       249     0    11     1     9
 -1.1313367333727580E+01 a       250     0    11     1    10
 -1.0521223266633362E+01 a       251     0    11     1    11
  1.6439024671587359E+00 a       252     0    11     1    12
 -5.3899719525907814E+00 a       253     0    11     1    13
  2.9183903106629079E+00 a       254     0    11     1    14
  4.7547513805081509E+00 a       255     0    11     1    15
  6.6388331233486158E+00 a       256     0    11     1    16
  2.6162152978153310E+00 a       257     0    11     1    17
  5.3971756764074339E+00 a       258     0    11     1    18
  1.0547324005486884E+01 a       259     0    11     1    19
 -2.6316527278520838E+00 a       260     0    11     1    20
  1.7728673911909663E+00 a       261     0    11     1    21
 -1.2355055220948822E+01 a       262     0    11     1    22
 -2.4102201219224959E+00 a       263     0    11     1    23
 -1.0216991201901195E+01 a       264     0    11     1    24
 -3.3702805071587849E+00 a       265     0    12     1     1
 -1.3306022837066974E+01 a       266     0    12     1     2
 -4.8167129254038681E+00 a       267     0    12     1     3
 -5.1501563820606366E-01 a       268     0    12     1     4
  8.0571088949074650E+00 a       269     0    12     1     5
  3.1233625250472614E+00 a       270     0    12     1     6
 -5.4186766935849828E+00 a       271     0    12     1     7
  2.4242330378264054E+01 a       272     0    12     1     8
 -1.0268093601742320E+01 a       273     0    12     1     9
 -1.2916412907584767E+00 a       274     0    12     1    10
 -5.9192896991714516E-01 a       275     0    12     1    11
 -2.6839060641819930E+00 a       276     0    12     1    12
 -3.6739666030869582E+00 a       277     0    12     1    13
  8.9097262653659234E-03 a       278     0    12     1    14
 -7.3158541860269901E+00 a       279     0    12     1    15
 -3.3244090436996534E+00 a       280     0    12     1    16
  3.9568653639586748E+00 a       281     0    12     1    17
  2.2386031273992952E+01 a       282     0    12     1    18
  6.1357316500091370E+00 a       283     0    12     1    19
  1.5677401035518923E+00 a       284     0    12     1    20
 -4.6315729860961685E+00 a       285     0    12     1    21
  5.4593320258197053E-01 a       286     0    12     1    22
 -7.9211356263402157E+00 a       287     0    12     1    23
  1.9071383064890632E+01 a       288     0    12     1    24
 -1.7020061312314056E+01 a       289     0    13     1     1
 -2.8339377855691654E+00 a       290     0    13     1     2
 -2.0675864976657763E+01 a       291     0    13     1     3
 -5.2873182722010907E-02 a       292     0    13     1     4
 -1.1027565245792625E+00 a       293     0    13     1     5
  1.7066838195202838E+01 a       294     0    13     1     6
 -7.9150973885274292E+00 a       295     0    13     1     7
 -8.5202520678728462E+00 a       296     0    13     1     8
  1.7064201802234887E+01 a       297     0    13     1     9
 -2.8117376500039182E+00 a       298     0    13     1    10
  6.2760988211100841E+00 a       299     0    13     1    11
  1.2950887760140855E+00 a       300     0    13     1    12
  1.1604602174911992E+01 a       301     0    13     1    13
  3.2260205043279195E+00 a       302     0    13     1    14
 -1.2275448322918479E+00 a       303     0    13     1    15
 -3.7417312274414156E+00 a       304     0    13     1    16
 -6.4306453963567733E+00 a       305     0    13     1    17
 -1.6950364281863788E+01 a       306     0    13     1    18
 -3.0766875608814379E+00 a       307     0    13     1    19
 -1.1620627191237267E+01 a       308     0    13     1    20
  1.3830854234150348E+01 a       309     0    13     1    21
  3.5557131473644241E+00 a       310     0    13     1    22
  1.9670868045329005E+01 a       311     0    13     1    23
 -4.7746911287804448E+00 a       312     0    13     1    24
 -6.6722036707275816E+00 a       313     0    14     1     1
 -6.4513741749406961E+00 a       314     0    14     1     2
  4.6842899700922684E+00 a       315     0    14     1     3
  1.0656018141472456E+01 a       316     0    14     1     4
  7.4319337397279135E+00 a       317     0    14     1     5
  1.3456822287912434E+01 a       318     0    14     1     6
 -1.9061344695834780E+01 a       319     0    14     1     7
  1.9424269724006457E+01 a       320     0    14     1     8
 -1.2226788979327170E+01 a       321     0    14     1     9
  6.3070582265356085E+00 a       322     0    14     1    10
  3.2001600760877711E+00 a       323     0    14     1    11
 -1.1715138452215204E+01 a       324     0    14     1    12
  1.4824295175354671E+00 a       325     0    14     1    13
 -1.6686808060264937E+01 a       326     0    14     1    14
 -7.7551403892694974E+00 a       327     0    14     1    15
  8.8543841626722308E+00 a       328     0    14     1    16
  1.2365963638493907E+01 a       329     0    14     1    17
  2.0922423641188402E+01 a       330     0    14     1    18
  1.1517314438742659E+01 a       331     0    14     1    19
  1.2284620006050542E+01 a       332     0    14     1    20
 -2.3987601931653067E+01 a       333     0    14     1    21
  1.5234508692997325E+01 a       334     0    14     1    22
 -3.2256459832169520E+00 a       335     0    14     1    23
  1.8374667092097525E+01 a       336     0    14     1    24
 -2.6341752957581242E+01 a       337     0    15     1     1
  1.1973478662548310E+01 a       338     0    15     1     2
 -1.7810672861523983E+01 a       339     0    15     1     3
  1.4056508988413240E+01 a       340     0    15     1     4
  1.9660392436668989E+01 a       341     0    15     1     5
 -9.7247152929055645E+00 a       342     0    15     1     6
  6.5028756869714881E+00 a       343     0    15     1     7
  2.2690597186379925E+01 a       344     0    15     1     8
 -9.9913020053134769E+00 a       345     0    15     1     9
 -1.5504275355669838E+01 a       346     0    15     1    10
  4.9004670128666570E+00 a       347     0    15     1    11
  9.0696060710667830E+00 a       348     0    15     1    12
 -1.7927155871510497E+01 a       349     0    15     1    13
 -4.8188638490778422E+00 a       350     0    15     1    14
  4.5972182126034848E+00 a       351     0    15     1    15
  6.5336003896172663E+00 a       352     0    15     1    16
 -2.9702198810595338E+01 a       353     0    15     1    17
 -7.9956019119476061E+00 a       354     0    15     1    18
 -1.4551695236939690E+01 a       355     0    15     1    19
 -4.9801720563058138E-01 a       356     0    15     1    20
 -2.0255565559423085E+00 a       357     0    15     1    21
  1.1522336928976069E+00 a       358     0    15     1    22
  1.9614600302190951E+01 a       359     0    15     1    23
  5.4941003913826032E+00 a       360     0    15     1    24
 -3.4926867679086899E+00 a       361     0    16     1     1
  3.3718483916220232E+00 a       362     0    16     1     2
  1.7152702267061775E+00 a       363     0    16     1     3
  1.2217369988194566E+00 a       364     0    16     1     4
  5.6278478285157272E+00 a       365     0    16     1     5
 -8.7539960712707412E+00 a       366     0    16     1     6
  1.8533361542598247E+01 a       367     0    16     1     7
 -4.2920858690036517E-01 a       368     0    16     1     8
 -8.9328208834029055E-01 a       369     0    16     1     9
  1.2452194821020841E+00 a       370     0    16     1    10
  3.0733855342326892E+00 a       371     0    16     1    11
  1.7910221610166985E+00 a       372     0    16     1    12
  3.7682549358995527E+00 a       373     0    16     1    13
 -5.6894686609340210E+00 a       374     0    16     1    14
 -4.2617925190551391E+00 a       375     0    16     1    15
  2.9857401362586067E-01 a       376     0    16     1    16
  7.5028540178392902E+00 a       377     0    16     1    17
 -3.7633632606605421E+00 a       378     0    16     1    18
 -1.0924146589132878E+01 a       379     0    16     1    19
 -6.2320279246695176E-01 a       380     0    16     1    20
 -1.4860951358196643E+00 a       381     0    16     1    21
  5.7889789124526274E+00 a       382     0    16     1    22
  4.8977353070516028E+00 a       383     0    16     1    23
  6.4880465460488823E+00 a       384     0    16     1    24
 -1.1538868228704415E+00 a       385     0    17     1     1
  3.7875121130740791E-01 a       386     0    17     1     2
 -1.9934975128535354E-01 a       387     0    17     1     3
  3.2303336376383971E+00 a       388     0    17     1     4
  4.7896152744954286E+00 a       389     0    17     1     5
 -1.9371450001410817E-01 a       390     0    17     1     6
  7.6189003724159343E-01 a       391     0    17     1     7
  2.6733308587166631E+00 a       392     0    17     1     8
 -2.7014226639517571E+00 a       393     0    17     1     9
 -7.0023205416997747E-01 a       394     0    17     1    10
  1.8392862200574107E+00 a       395     0    17     1    11
 -6.2528921484708799E-01 a       396     0    17     1    12
 -9.1648801796555934E-01 a       397     0    17     1    13
  1.1477013646300681E-01 a       398     0    17     1    14
  6.5022954336071614E-01 a       399     0    17     1    15
 -4.4719481408866563E-01 a       400     0    17     1    16
 -2.8180791095965225E+00 a       401     0    17     1    17
 -2.6475435353900378E+00 a       402     0    17     1    18
  1.6980439107944010E+00 a       403     0    17     1    19
  3.1236527394477629E+00 a       404     0    17     1    20
  8.9823233426541538E-01 a       405     0    17     1    21
 -4.7219927349046253E-01 a       406     0    17     1    22
  2.4182298732635483E+00 a       407     0    17     1    23
  1.6000449094130638E+00 a       408     0    17     1    24
 -1.2793521393139251E+00 a       409     0    18     1     1
  1.1054777788803898E+00 a       410     0    18     1     2
 -1.3807210003084111E-01 a       411     0    18     1     3
  1.9685051511907001E+00 a       412     0    18     1     4
  4.3648193166670959E+00 a       413     0    18     1     5
 -2.6654832001421642E+00 a       414     0    18     1     6
  5.5970262785030869E+00 a       415     0    18     1     7
  6.8704992494956185E-01 a       416     0    18     1     8
 -1.8959088165374669E+00 a       417     0    18     1     9
 -1.4812036474334248E-01 a       418     0    18     1    10
  5.8964431217582158E-01 a       419     0    18     1    11
 -6.2516774496717931E-01 a       420     0    18     1    12
  2.5038431163849673E+00 a       421     0    18     1    13
 -2.0782847009881209E+00 a       422     0    18     1    14
  1.8127849181989262E+00 a       423     0    18     1    15
 -2.2226144377282391E+00 a       424     0    18     1    16
  3.4286600201040001E+00 a       425     0    18     1    17
 -2.0905200154260273E+00 a       426     0    18     1    18
 -1.2618782364409018E+00 a       427     0    18     1    19
  3.1415698592362880E+00 a       428     0    18     1    20
 -5.6793964917287970E-02 a       429     0    18     1    21
  1.1604950447066154E+00 a       430     0    18     1    22
  3.5167935065503166E+00 a       431     0    18     1    23
  2.4596112311663836E+00 a       432     0    18     1    24
 -7.7912098026483534E-01 a       433     0    19     1     1
  8.3286999204938494E-01 a       434     0    19     1     2
  4.2492679886979472E+00 a       435     0    19     1     3
  9.9096784950655326E-01 a       436     0    19     1     4
 -1.0184667208272562E+00 a       437     0    19     1     5
 -1.4602048683685717E-01 a       438     0    19     1     6
 -8.1419143199086086E-01 a       439     0    19     1     7
 -6.5498811587856469E+00 a       440     0    19     1     8
 -3.5822385148065607E+00 a       441     0    19     1     9
  4.6141027147344227E+00 a       442     0    19     1    10
 -4.6007256047542606E+00 a       443     0    19     1    11
 -1.5687709298204304E+00 a       444     0    19     1    12
  3.0752588719138503E+00 a       445     0    19     1    13
  5.8252013102046796E+00 a       446     0    19     1    14
  6.2904910568763093E+00 a       447     0    19     1    15
 -2.3897057572071194E+00 a       448     0    19     1    16
  1.1401391393371905E+00 a       449     0    19     1    17
 -3.1821742442571641E+00 a       450     0    19     1    18
 -6.4688223383110710E-01 a       451     0    19     1    19
  3.1279226937019424E+00 a       452     0    19     1    20
  1.2605892028296293E+00 a       453     0    19     1    21
 -6.7658347789759976E-01 a       454     0    19     1    22
  3.3859803963513104E+00 a       455     0    19     1    23
 -1.2620759352134956E+00 a       456     0    19     1    24
  1.7047101702511632E+01 a       457     0    20     1     1
  9.4747808635499791E+00 a       458     0    20     1     2
 -1.2258503513043458E+01 a       459     0    20     1     3
 -3.3826231052732837E+01 a       460     0    20     1     4
  5.3657157441102166E-01 a       461     0    20     1     5
 -7.7859867266843228E+00 a       462     0    20     1     6
 -6.5726260128234983E+00 a       463     0    20     1     7
  2.3800129886231407E+01 a       464     0    20     1     8
  1.1780818936185938E+01 a       465     0    20     1     9
  1.3201230663008864E+01 a       466     0    20     1    10
 -1.8098813105064302E+01 a       467     0    20     1    11
 -3.4045588026322797E+01 a       468     0    20     1    12
  1.2224209713859848E+01 a       469     0    20     1    13
 -9.3381955395821699E+00 a       470     0    20     1    14
  4.1436730821361119E+00 a       471     0    20     1    15
 -7.9491549328679589E+00 a       472     0    20     1    16
  4.2074326219941028E+01 a       473     0    20     1    17
  2.0911508484046529E+01 a       474     0    20     1    18
 -4.5589417396202048E-01 a       475     0    20     1    19
  2.4050386932082706E+01 a       476     0    20     1    20
  1.1659906590758711E+01 a       477     0    20     1    21
 -5.9962689740719863E+00 a       478     0    20     1    22
 -3.0641885396888089E+01 a       479     0    20     1    23
 -2.0073008370018557E+00 a       480     0    20     1    24
  1.9984235680649164E+01 a       481     0    21     1     1
 -8.2657265899397228E+00 a       482     0    21     1     2
  3.5917603170537760E+00 a       483     0    21     1     3
  4.5819091889494930E+00 a       484     0    21     1     4
  7.0264036299048316E+00 a       485     0    21     1     5
 -2.3873047763555078E-01 a       486     0    21     1     6
 -1.0596819532377577E+01 a       487     0    21     1     7
  2.0848574393208306E+01 a       488     0    21     1     8
 -8.3664865389718326E+00 a       489     0    21     1     9
  1.5548691583914163E+01 a       490     0    21     1    10
  1.0663145013535035E+01 a       491     0    21     1    11
 -2.4928676387399507E+00 a       492     0    21     1    12
 -2.8656174406830868E+00 a       493     0    21     1    13
  1.0705227988770705E+01 a       494     0    21     1    14
 -1.0154473677027389E+00 a       495     0    21     1    15
 -1.4936064706221716E+01 a       496     0    21     1    16
 -1.8399396520440163E+01 a       497     0    21     1    17
  3.3923829488163695E+00 a       498     0    21     1    18
 -5.6912142446771474E-01 a       499     0    21     1    19
  1.0602604320231169E+01 a       500     0    21     1    20
  3.2954220142186710E+00 a       501     0    21     1    21
  1.7318330807079338E+01 a       502     0    21     1    22
 -1.8084949886976429E+00 a       503     0    21     1    23
  7.0735894079201707E+00 a       504     0    21     1    24
  1.9960745932891391E+00 a       505     0    22     1     1
  2.4495686611083109E+01 a       506     0    22     1     2
  1.0312308360313306E+01 a       507     0    22     1     3
 -3.1123840157042237E+00 a       508     0    22     1     4
 -1.0997142971870700E+01 a       509     0    22     1     5
  1.7419179853600331E+00 a       510     0    22     1     6
  3.1009002288361436E+00 a       511     0    22     1     7
 -4.6185903248993574E+00 a       512     0    22     1     8
  1.7145855765113399E+01 a       513     0    22     1     9
 -1.7855765745604021E+01 a       514     0    22     1    10
  1.2689893494950539E+00 a       515     0    22     1    11
  5.5260263761926147E+00 a       516     0    22     1    12
  3.6970105557054433E-01 a       517     0    22     1    13
 -2.5910143163996626E+01 a       518     0    22     1    14
 -8.3375416657881629E-01 a       519     0    22     1    15
  1.0447107450691259E+01 a       520     0    22     1    16
 -1.8479556811037209E+01 a       521     0    22     1    17
 -1.1544482096890546E+01 a       522     0    22     1    18
  3.6808750374938044E+00 a       523     0    22     1    19
 -8.8563704553463118E+00 a       524     0    22     1    20
  1.9913827215022737E+00 a       525     0    22     1    21
  1.0115497540953056E+00 a       526     0    22     1    22
  1.5630126776566884E+01 a       527     0    22     1    23
 -3.4458245965349192E+01 a       528     0    22     1    24
  1.1613163424717701E+01 a       529     0    23     1     1
 -1.3654899984084473E+01 a       530     0    23     1     2
 -2.3818527527195545E+01 a       531     0    23     1     3
 -1.9755420219160921E+01 a       532     0    23     1     4
 -6.5076051823862464E+00 a       533     0    23     1     5
 -2.5382999828598017E+01 a       534     0    23     1     6
  3.3146017576828463E+01 a       535     0    23     1     7
 -2.0612394929747843E+01 a       536     0    23     1     8
  1.3814804953708697E+01 a       537     0    23     1     9
 -7.7516314894964946E+00 a       538     0    23     1    10
 -1.4278745820481991E+00 a       539     0    23     1    11
  1.3743528371867150E+01 a       540     0    23     1    12
 -6.1389994772168075E+00 a       541     0    23     1    13
  4.1684178771379280E+01 a       542     0    23     1    14
  3.7358234840097144E+00 a       543     0    23     1    15
 -1.9103247996038288E+01 a       544     0    23     1    16
 -1.5960804176949399E+01 a       545     0    23     1    17
 -2.4691965161170572E+01 a       546     0    23     1    18
 -2.2652117116172764E+01 a       547     0    23     1    19
 -2.2933161057492342E+01 a       548     0    23     1    20
  3.9297522729138578E+01 a       549     0    23     1    21
 -2.8085669745256425E+01 a       550     0    23     1    22
 -9.1783692427885342E+00 a       551     0    23     1    23
 -9.2938461944569255E+00 a       552     0    23     1    24
  1.7103912672212413E+01 a       553     0    24     1     1
 -7.2370502054395569E+00 a       554     0    24     1     2
  3.1441787534921364E+01 a       555     0    24     1     3
  7.2205709137490830E+00 a       556     0    24     1     4
 -1.0175614850661075E+01 a       557     0    24     1     5
 -1.1734086054708554E+01 a       558     0    24     1     6
  1.0030274318470742E+01 a       559     0    24     1     7
 -8.9285529436440747E+00 a       560     0    24     1     8
 -1.9537244987674036E+01 a       561     0    24     1     9
  2.7781674942115719E+00 a       562     0    24     1    10
 -1.3678184776896511E+00 a       563     0    24     1    11
  9.0457174157035780E+00 a       564     0    24     1    12
 -1.0371627259672064E+01 a       565     0    24     1    13
  1.6961542749777048E+00 a       566     0    24     1    14
 -3.9368396523844646E+00 a       567     0    24     1    15
  7.4434011708209882E+00 a       568     0    24     1    16
  2.9382303083625710E-01 a       569     0    24     1    17
  1.2317954692999795E+01 a       570     0    24     1    18
  6.1446977862138628E+00 a       571     0    24     1    19
 -1.5272705635132684E+00 a       572     0    24     1    20
 -2.0313162025078356E+01 a       573     0    24     1    21
  1.9608882691116961E-01 a       574     0    24     1    22
 -1.3459040277549603E+01 a       575     0    24     1    23
  3.5597202186283514E+00 a       576     0    24     1    24
 -6.7942205727146430E+00 a       577     0    25     1     1
 -3.6127435826082834E+00 a       578     0    25     1     2
 -4.4263531659652777E+00 a       579     0    25     1     3
 -4.1270919703741589E+00 a       580     0    25     1     4
 -1.1384614035022082E+01 a       581     0    25     1     5
  8.1903932756389946E+00 a       582     0    25     1     6
 -1.4047653941562229E+01 a       583     0    25     1     7
 -9.2665381890815688E+00 a       584     0    25     1     8
  3.3501815962442629E+00 a       585     0    25     1     9
 -5.9659347563779352E+00 a       586     0    25     1    10
 -9.3491903592647905E+00 a       587     0    25     1    11
 -4.3571291878544072E+00 a       588     0    25     1    12
  1.2298966229458403E+00 a       589     0    25     1    13
  5.9418009326075327E-01 a       590     0    25     1    14
  2.2097273294316890E+00 a       591     0    25     1    15
  6.6129897588760302E+00 a       592     0    25     1    16
 -3.6197081025683073E+00 a       593     0    25     1    17
  4.2990509394044479E-01 a       594     0    25     1    18
  8.5983556170237954E+00 a       595     0    25     1    19
 -4.7060650791674039E+00 a       596     0    25     1    20
 -4.3996799109715203E+00 a       597     0    25     1    21
 -1.5647426812572355E+01 a       598     0    25     1    22
 -4.0153005964208281E+00 a       599     0    25     1    23
 -9.2583955963258688E+00 a       600     0    25     1    24
 -2.6774297250724786E+00 a       601     0    26     1     1
 -1.1040095795197955E+00 a       602     0    26     1     2
  1.7545352030398775E+00 a       603     0    26     1     3
  3.7962758177055993E+00 a       604     0    26     1     4
  2.4591421162020115E+00 a       605     0    26     1     5
  2.0032268391196548E+00 a       606     0    26     1     6
 -1.9720385882038547E+00 a       607     0    26     1     7
 -1.7967376582887111E+00 a       608     0    26     1     8
 -2.2151712000622483E+00 a       609     0    26     1     9
 -6.1764021336299746E-01 a       610     0    26     1    10
  1.6414019443108270E+00 a       611     0    26     1    11
  1.7003770177522854E+00 a       612     0    26     1    12
  4.5470235830035316E-01 a       613     0    26     1    13
  2.5242912662583468E+00 a       614     0    26     1    14
  2.4454455230601488E+00 a       615     0    26     1    15
  5.4421118359576810E-02 a       616     0    26     1    16
 -4.2436691964649560E+00 a       617     0    26     1    17
 -3.4889862592999648E+00 a       618     0    26     1    18
  2.5305579803488172E+00 a       619     0    26     1    19
  2.2589318382045184E-01 a       620     0    26     1    20
  6.4375709130287262E-01 a       621     0    26     1    21
 -7.7665819748291209E-01 a       622     0    26     1    22
  3.8960887464946983E+00 a       623     0    26     1    23
  2.8181544424726973E-01 a       624     0    26     1    24
 -2.2061357341238073E+00 a       625     0    27     1     1
  4.0836841648499345E-01 a       626     0    27     1     2
  1.9827506638947257E+00 a       627     0    27     1     3
  9.6454256589061926E-01 a       628     0    27     1     4
  2.9656292113049849E+00 a       629     0    27     1     5
  8.7988725673597934E-01 a       630     0    27     1     6
 -3.6995606404540755E+00 a       631     0    27     1     7
 -3.6769170887519644E+00 a       632     0    27     1     8
 -1.2450776309051806E-01 a       633     0    27     1     9
 -7.8369186976989136E-01 a       634     0    27     1    10
 -4.2101247781913251E+00 a       635     0    27     1    11
 -7.6764463067867039E-01 a       636     0    27     1    12
  2.2413088280021509E+00 a       637     0    27     1    13
  2.9855892869370813E+00 a       638     0    27     1    14
  8.1432693140821968E+00 a       639     0    27     1    15
 -8.8218395502281233E-01 a       640     0    27     1    16
  1.2158087674058045E-01 a       641     0    27     1    17
 -9.9637466878266012E-01 a       642     0    27     1    18
  2.0493009692702073E+00 a       643     0    27     1    19
  3.2255920425367637E+00 a       644     0    27     1    20
  1.0988258436860243E+00 a       645     0    27     1    21
 -5.0895075989646044E+00 a       646     0    27     1    22
  2.5548022778474757E+00 a       647     0    27     1    23
 -1.0728536136737192E+00 a       648     0    27     1    24
 -3.4265598643196564E+00 a       649     0    28     1     1
  2.5969540742612689E+00 a       650     0    28     1     2
  9.2786641737394167E+00 a       651     0    28     1     3
  5.6624893492332102E+00 a       652     0    28     1     4
  1.0842003162905265E+00 a       653     0    28     1     5
  5.2645714650948179E+00 a       654     0    28     1     6
 -1.0838333001348996E+01 a       655     0    28     1     7
 -3.4417335722556536E-01 a       656     0    28     1     8
 -7.7112626128632149E+00 a       657     0    28     1     9
  6.7942640765782762E+00 a       658     0    28     1    10
 -4.3479029229249084E+00 a       659     0    28     1    11
 -4.2872681932627001E+00 a       660     0    28     1    12
  3.7789643995585722E+00 a       661     0    28     1    13
 -1.6083924698882318E-01 a       662     0    28     1    14
  6.1813232100707776E+00 a       663     0    28     1    15
  2.9113218434882957E+00 a       664     0    28     1    16
  6.0903321426970081E+00 a       665     0    28     1    17
  5.4625075367879292E+00 a       666     0    28     1    18
  4.7559964892233326E+00 a       667     0    28     1    19
  9.0241249728192265E+00 a       668     0    28     1    20
 -7.3718839503106119E+00 a       669     0    28     1    21
  5.8211303719226235E+00 a       670     0    28     1    22
  5.2405026744643557E+00 a       671     0    28     1    23
  3.5088823291831850E+00 a       672     0    28     1    24
 -3.5534708581704955E+00 a       673     0    29     1     1
  1.4351987971817264E+00 a       674     0    29     1     2
 -3.9019334923053752E+00 a       675     0    29     1     3
  1.4088365735459969E+00 a       676     0    29     1     4
 -2.1497822897743530E+00 a       677     0    29     1     5
  9.9438231202435956E-01 a       678     0    29     1     6
  3.1962555601595772E+00 a       679     0    29     1     7
 -2.7050114913341061E+00 a       680     0    29     1     8
  4.9193185025656057E+00 a       681     0    29     1     9
 -3.0209229831053288E+00 a       682     0    29     1    10
  1.7941430341163551E+00 a       683     0    29     1    11
  5.7620041063588330E+00 a       684     0    29     1    12
 -3.0336978984049878E+00 a       685     0    29     1    13
 -1.8256516553840343E+00 a       686     0    29     1    14
 -4.5659227586031070E+00 a       687     0    29     1    15
  9.4320501894304332E-01 a       688     0    29     1    16
 -2.2380875100908999E+00 a       689     0    29     1    17
 -1.9919912066954857E+00 a       690     0    29     1    18
 -5.5479056102346833E+00 a       691     0    29     1    19
 -6.8359696514763089E+00 a       692     0    29     1    20
  5.4143966675658531E-02 a       693     0    29     1    21
  3.7626631205010330E+00 a       694     0    29     1    22
  2.6448787290172033E+00 a       695     0    29     1    23
 -1.9087869060387606E+00 a       696     0    29     1    24
  1.4018444228291213E-01 a       697     0    30     1     1
  2.2152258311552089E+00 a       698     0    30     1     2
 -1.1030334823867374E+00 a       699     0    30     1     3
 -1.8879159125748546E+00 a       700     0    30     1     4
 -4.3586535117856187E+00 a       701     0    30     1     5
 -7.5025880032538561E-01 a       702     0    30     1     6
  7.7129286772076355E+00 a       703     0    30     1     7
  7.7751843537768106E-01 a       704     0    30     1     8
  3.4473099166382544E+00 a       705     0    30     1     9
 -1.0989901658144139E+00 a       706     0    30     1    10
  4.9277503521716781E+00 a       707     0    30     1    11
  3.9339186138065361E+00 a       708     0    30     1    12
 -3.8995923588745125E+00 a       709     0    30     1    13
 -5.2835737776925287E+00 a       710     0    30     1    14
 -1.1468198831158194E+01 a       711     0    30     1    15
  4.1124947555602143E+00 a       712     0    30     1    16
  3.6943627617498640E+00 a       713     0    30     1    17
  1.4977562967012610E+00 a       714     0    30     1    18
 -4.1155529235835573E+00 a       715     0    30     1    19
 -6.5107813930693457E+00 a       716     0    30     1    20
 -5.0809122076414803E-01 a       717     0    30     1    21
  4.5341204774524417E+00 a       718     0    30     1    22
 -3.5411865186121068E+00 a       719     0    30     1    23
  7.8702195006651499E-01 a       720     0    30     1    24
 -3.1635631880867536E+00 a       721     0    31     1     1
  1.2240413793498788E+00 a       722     0    31     1     2
  1.1929713022243498E+00 a       723     0    31     1     3
  6.5266951530431196E+00 a       724     0    31     1     4
  6.4757696273268808E+00 a       725     0    31     1     5
  8.4522755631977926E+00 a       726     0    31     1     6
 -6.7320226209248757E+00 a       727     0    31     1     7
  1.6220657639040663E+01 a       728     0    31     1     8
 -4.6084818421002427E-01 a       729     0    31     1     9
 -1.4128616665378644E+00 a       730     0    31     1    10
  9.0012238158105706E+00 a       731     0    31     1    11
 -2.8751857302572366E+00 a       732     0    31     1    12
 -1.6123032607008310E+00 a       733     0    31     1    13
 -2.2127842394283149E+01 a       734     0    31     1    14
 -1.1071129342977910E+01 a       735     0    31     1    15
  8.3261657911537714E+00 a       736     0    31     1    16
  7.9303317438926832E+00 a       737     0    31     1    17
  1.2187667972147473E+01 a       738     0    31     1    18
  8.2088989734981457E+00 a       739     0    31     1    19
  3.8723709523240886E+00 a       740     0    31     1    20
 -1.5254798794267616E+01 a       741     0    31     1    21
  1.1682218322021324E+01 a       742     0    31     1    22
 -5.7374282498633660E+00 a       743     0    31     1    23
  9.6394031811541776E+00 a       744     0    31     1    24
  2.4917306848645875E+01 a       745     0    32     1     1
 -1.1957079261807767E+01 a       746     0    32     1     2
  1.7363331543684080E+01 a       747     0    32     1     3
 -6.8890291464447122E+00 a       748     0    32     1     4
 -1.4253142995485842E+01 a       749     0    32     1     5
  8.0076313739406402E+00 a       750     0    32     1     6
 -4.0912337022504222E+00 a       751     0    32     1     7
 -2.1598364814481510E+01 a       752     0    32     1     8
  7.1260047911985653E+00 a       753     0    32     1     9
  1.1814190967762823E+01 a       754     0    32     1    10
 -2.6400087528223497E+00 a       755     0    32     1    11
 -8.1862964643302867E+00 a       756     0    32     1    12
  1.4663234661956363E+01 a       757     0    32     1    13
  4.8084182356506959E+00 a       758     0    32     1    14
 -8.9523251224574274E-01 a       759     0    32     1    15
 -5.1876692951904788E+00 a       760     0    32     1    16
  2.5243145493695565E+01 a       761     0    32     1    17
  3.8158507687979135E+00 a       762     0    32     1    18
  1.6771468205898096E+01 a       763     0    32     1    19
  4.1302544174118534E+00 a       764     0    32     1    20
  1.1472047583581197E+00 a       765     0    32     1    21
 -3.1084450044761291E-01 a       766     0    32     1    22
 -1.6789352036018009E+01 a       767     0    32     1    23
 -3.2847761016818513E+00 a       768     0    32     1    24
  1.7798170601846561E+00 a       769     0    33     1     1
  2.7643802857320430E+00 a       770     0    33     1     2
 -1.5529393108051890E+00 a       771     0    33     1     3
 -5.1664458608850006E-01 a       772     0    33     1     4
 -4.2505930825472413E+00 a       773     0    33     1     5
 -7.3526900537675761E+00 a       774     0    33     1     6
  5.4460566298661321E+00 a       775     0    33     1     7
 -1.5281653879660452E+01 a       776     0    33     1     8
  3.0084952819585475E-01 a       777     0    33     1     9
  5.4594907526135152E+00 a       778     0    33     1    10
 -3.3297961738007502E+00 a       779     0    33     1    11
  3.1127322537003868E+00 a       780     0    33     1    12
  2.0538277222085801E+00 a       781     0    33     1    13
  1.3435130579078267E+01 a       782     0    33     1    14
  7.9155084655732004E+00 a       783     0    33     1    15
 -3.0791594929491035E+00 a       784     0    33     1    16
  2.0333094574509909E+00 a       785     0    33     1    17
 -1.1185709504236657E+01 a       786     0    33     1    18
 -7.7975061866015620E+00 a       787     0    33     1    19
  4.3342478033123877E-01 a       788     0    33     1    20
  6.5023086797729839E+00 a       789     0    33     1    21
 -2.5048904717903651E+00 a       790     0    33     1    22
  1.7975076287846787E+00 a       791     0    33     1    23
 -1.4206051640783031E+00 a       792     0    33     1    24
  6.5912511447404454E-01 a       793     0    34     1     1
  1.4826433160563821E-01 a       794     0    34     1     2
 -2.3655475389380975E-01 a       795     0    34     1     3
 -5.7913759419137723E-01 a       796     0    34     1     4
  1.2438860828761313E+00 a       797     0    34     1     5
  4.1899376721254011E-01 a       798     0    34     1     6
 -2.4709375697092958E-01 a       799     0    34     1     7
 -3.9639592684100045E-01 a       800     0    34     1     8
  4.9856392096799912E-01 a       801     0    34     1     9
 -9.4215622934736676E-02 a       802     0    34     1    10
  2.7280805628555166E-01 a       803     0    34     1    11
 -1.5157712823443703E-01 a       804     0    34     1    12
 -8.9404574958647565E-02 a       805     0    34     1    13
 -4.4881170692971101E-01 a       806     0    34     1    14
 -2.1683825325806680E-01 a       807     0    34     1    15
 -3.6902950442314225E-01 a       808     0    34     1    16
  3.3730783644960260E-01 a       809     0    34     1    17
  1.0578089371798007E+00 a       810     0    34     1    18
 -4.4298548491943801E-01 a       811     0    34     1    19
 -4.0503266468705218E-01 a       812     0    34     1    20
 -4.6130402693558303E-01 a       813     0    34     1    21
 -3.1301884924258538E-01 a       814     0    34     1    22
  5.2420210992071770E-01 a       815     0    34     1    23
  2.4997699806466997E-01 a       816     0    34     1    24
  8.8399966621758275E-01 a       817     0    35     1     1
  3.5373330834865263E-01 a       818     0    35     1     2
  4.8399635792250251E-01 a       819     0    35     1     3
 -3.5087371357518532E-01 a       820     0    35     1     4
 -1.6392825084326279E-01 a       821     0    35     1     5
 -3.8602129273330960E-01 a       822     0    35     1     6
 -1.3703590544406641E+00 a       823     0    35     1     7
  3.6783655086211858E-01 a       824     0    35     1     8
 -1.7293423109725041E+00 a       825     0    35     1     9
  7.2622979279011213E-01 a       826     0    35     1    10
 -7.5841528543761505E-01 a       827     0    35     1    11
 -2.9867031673606265E-01 a       828     0    35     1    12
  7.5535175702713531E-01 a       829     0    35     1    13
  8.2115920673560050E-01 a       830     0    35     1    14
  9.4906092621495908E-02 a       831     0    35     1    15
 -8.7849219071177997E-01 a       832     0    35     1    16
 -2.4947261703059000E+00 a       833     0    35     1    17
  8.6974893492455962E-01 a       834     0    35     1    18
  5.3642732117141823E-01 a       835     0    35     1    19
  6.3653590209555211E-01 a       836     0    35     1    20
 -1.8418699671341385E-01 a       837     0    35     1    21
 -1.2880016850537146E+00 a       838     0    35     1    22
  3.3772056138673658E-02 a       839     0    35     1    23
  3.0026323532384697E-01 a       840     0    35     1    24
  2.1538934298017762E-02 a       841     0    36     1     1
 -1.6006282942757932E-01 a       842     0    36     1     2
  1.1032428421860936E+00 a       843     0    36     1     3
 -8.9929832935370907E-02 a       844     0    36     1     4
 -3.1585675217245562E-01 a       845     0    36     1     5
 -1.2374863864941377E+00 a       846     0    36     1     6
  4.8495908505935220E-01 a       847     0    36     1     7
 -3.1040421021746212E-01 a       848     0    36     1     8
  9.7804360697259851E-01 a       849     0    36     1     9
 -2.7610009816157924E-02 a       850     0    36     1    10
  1.7401980539710127E+00 a       851     0    36     1    11
  1.0299313968683865E+00 a       852     0    36     1    12
 -8.4159043136006473E-01 a       853     0    36     1    13
 -6.7830970187515438E-01 a       854     0    36     1    14
  1.2585620159336930E+00 a       855     0    36     1    15
  1.1079871190012045E+00 a       856     0    36     1    16
  1.1676783336926431E+00 a       857     0    36     1    17
  2.1270274798576147E-01 a       858     0    36     1    18
 -3.1038698259791149E+00 a       859     0    36     1    19
 -1.8711107345641587E-01 a       860     0    36     1    20
  3.7210090700154030E-01 a       861     0    36     1    21
  4.9301645882876921E-01 a       862     0    36     1    22
  5.7789454179151811E-01 a       863     0    36     1    23
  1.3191371753315961E+00 a       864     0    36     1    24
 -5.3944792730185966E+00 a       865     0    37     1     1
 -9.6327693495609681E-03 a       866     0    37     1     2
 -4.1000559927937292E+00 a       867     0    37     1     3
  3.8021660382906686E-01 a       868     0    37     1     4
  2.8431387638649119E+00 a       869     0    37     1     5
 -3.4647975659454294E-02 a       870     0    37     1     6
  6.7334315767993509E+00 a       871     0    37     1     7
  5.5306387711050686E-01 a       872     0    37     1     8
 -1.7172308674623109E+00 a       873     0    37     1     9
 -3.1207136282625725E+00 a       874     0    37     1    10
 -3.3948995578607288E+00 a       875     0    37     1    11
 -4.4601649607173410E-01 a       876     0    37     1    12
  1.1276926991777008E+00 a       877     0    37     1    13
 -1.1560253351096737E+01 a       878     0    37     1    14
 -4.1112270452543322E+00 a       879     0    37     1    15
 -7.7151864068725216E+00 a       880     0    37     1    16
  3.2814577363715491E+00 a       881     0    37     1    17
 -3.0108986916994485E+00 a       882     0    37     1    18
 -2.3910326196196889E+00 a       883     0    37     1    19
  7.6974922372227927E-01 a       884     0    37     1    20
 -9.9432420650099640E-01 a       885     0    37     1    21
  4.5138696855773990E+00 a       886     0    37     1    22
  2.4732832760769541E+00 a       887     0    37     1    23
  7.9837574705955348E+00 a       888     0    37     1    24
 -5.3988330720304190E-01 a       889     0    38     1     1
  8.6236925716769136E-02 a       890     0    38     1     2
 -2.4644192586499014E+00 a       891     0    38     1     3
  1.4402350131192623E+00 a       892     0    38     1     4
  6.0490199626247543E-01 a       893     0    38     1     5
  6.5875901076772186E-02 a       894     0    38     1     6
  7.2399675933435059E-01 a       895     0    38     1     7
 -1.2407766648961489E+00 a       896     0    38     1     8
  2.8168655501601529E+00 a       897     0    38     1     9
 -1.3150589097207086E+00 a       898     0    38     1    10
 -6.1607004915480124E-01 a       899     0    38     1    11
  1.5417860576710780E+00 a       900     0    38     1    12
 -1.2544978842733234E+00 a       901     0    38     1    13
 -1.5413024081385263E-01 a       902     0    38     1    14
  3.0828506518372528E-01 a       903     0    38     1    15
  1.2186108605812307E+00 a       904     0    38     1    16
  2.4520089873937781E-01 a       905     0    38     1    17
 -1.4633840487758683E+00 a       906     0    38     1    18
 -1.1952771793357226E+00 a       907     0    38     1    19
  5.5722940924911746E-01 a       908     0    38     1    20
  1.0798213573665567E+00 a       909     0    38     1    21
  2.0168325164854033E+00 a       910     0    38     1    22
  1.0995536818521057E+00 a       911     0    38     1    23
  8.9456924616254352E-01 a       912     0    38     1    24
 -2.9746465121417618E+00 a       913     0    39     1     1
  6.0902865248284244E-01 a       914     0    39     1     2
 -4.6854715304832234E-01 a       915     0    39     1     3
  3.2926177101956444E+00 a       916     0    39     1     4
  5.5977896656733979E+00 a       917     0    39     1     5
  1.2696438978908351E+00 a       918     0    39     1     6
  6.7127331370438970E-01 a       919     0    39     1     7
  2.3661296440941220E+00 a       920     0    39     1     8
  5.5872692662854941E+00 a       921     0    39     1     9
 -2.7066594442657173E+00 a       922     0    39     1    10
 -7.2568919361680040E-01 a       923     0    39     1    11
  9.2482583200644275E-01 a       924     0    39     1    12
 -7.3548753244533858E+00 a       925     0    39     1    13
 -2.3751290313377491E+00 a       926     0    39     1    14
  2.0818708667430115E+00 a       927     0    39     1    15
 -9.0882517014935094E-01 a       928     0    39     1    16
  4.0991048151394223E+00 a       929     0    39     1    17
  4.4446252397975154E+00 a       930     0    39     1    18
  1.7145696454950128E+00 a       931     0    39     1    19
 -7.3924024716858316E-01 a       932     0    39     1    20
  8.3306802597817975E-02 a       933     0    39     1    21
  5.0686313314666434E+00 a       934     0    39     1    22
  4.5946566832469662E+00 a       935     0    39     1    23
  1.9271351747984904E+00 a       936     0    39     1    24
 -1.4954919705530054E+00 a       937     0    40     1     1
 -2.7349923513737346E-02 a       938     0    40     1     2
 -2.5834912078915755E+00 a       939     0    40     1     3
  9.7820270787747243E-01 a       940     0    40     1     4
 -1.1861564063231183E+00 a       941     0    40     1     5
 -4.3705037969707883E+00 a       942     0    40     1     6
  6.0374019446192309E+00 a       943     0    40     1     7
  2.1670157900950412E-01 a       944     0    40     1     8
  4.9763521289208601E+00 a       945     0    40     1     9
 -3.2545641287112836E+00 a       946     0    40     1    10
  5.5696852056298480E+00 a       947     0    40     1    11
  3.8654611131719769E+00 a       948     0    40     1    12
 -4.4467201612955005E+00 a       949     0    40     1    13
  1.8031699591891741E+00 a       950     0    40     1    14
 -2.1011757266820483E+00 a       951     0    40     1    15
  5.8508871268662848E+00 a       952     0    40     1    16
  1.0462513017486705E+01 a       953     0    40     1    17
 -4.0990461914247298E+00 a       954     0    40     1    18
 -2.3727486914271781E-01 a       955     0    40     1    19
 -2.2883165276217374E+00 a       956     0    40     1    20
  5.4386768085358055E+00 a       957     0    40     1    21
  9.7191480582378293E+00 a       958     0    40     1    22
  8.8272184389804964E-01 a       959     0    40     1    23
  9.9948673113965980E-01 a       960     0    40     1    24
 -6.0209130349578732E-01 a       961     0    41     1     1
  1.7705519975510180E+00 a       962     0    41     1     2
  8.7528535644652694E-01 a       963     0    41     1     3
  1.5940203637671710E+00 a       964     0    41     1     4
  1.2462660445619815E+00 a       965     0    41     1     5
 -3.5249236544790591E-01 a       966     0    41     1     6
  3.9041304922894469E+00 a       967     0    41     1     7
  9.5635191880599402E-01 a       968     0    41     1     8
  1.8166212421614398E+00 a       969     0    41     1     9
 -9.9210961131534736E-01 a       970     0    41     1    10
  1.1173514148974073E+00 a       971     0    41     1    11
  2.8365051415818359E+00 a       972     0    41     1    12
 -2.1323865702322498E+00 a       973     0    41     1    13
 -8.6876364089020319E-01 a       974     0    41     1    14
 -1.1372424757312956E+00 a       975     0    41     1    15
  1.5950988759257296E+00 a       976     0    41     1    16
  4.8402501144152899E+00 a       977     0    41     1    17
 -9.3045549806633432E-02 a       978     0    41     1    18
  4.8970133651468040E-01 a       979     0    41     1    19
 -6.4208538713239005E-01 a       980     0    41     1    20
  1.8454185621165369E+00 a       981     0    41     1    21
  4.6332941929726212E+00 a       982     0    41     1    22
 -1.0406060429621384E+00 a       983     0    41     1    23
 -4.1105555610840078E-01 a       984     0    41     1    24
 -4.7400578714650701E+00 a       985     0    42     1     1
  5.0489385102885036E+00 a       986     0    42     1     2
  1.0653589165678345E+00 a       987     0    42     1     3
  5.6677672083294830E+00 a       988     0    42     1     4
 -5.0758438706252571E+00 a       989     0    42     1     5
 -1.0607166072174257E+01 a       990     0    42     1     6
  3.7572883047762176E+00 a       991     0    42     1     7
 -4.6846604993772774E+00 a       992     0    42     1     8
  2.5598506283094720E+00 a       993     0    42     1     9
  2.3430640302763950E-01 a       994     0    42     1    10
  1.5900515115613841E+01 a       995     0    42     1    11
  6.5287402045162803E+00 a       996     0    42     1    12
 -1.0946349676529085E+01 a       997     0    42     1    13
  5.9407743619354036E+00 a       998     0    42     1    14
  4.8335848096336631E-01 a       999     0    42     1    15
  1.4613482607007283E+01 a      1000     0    42     1    16
  1.5328144767262890E+01 a      1001     0    42     1    17
 -5.6282032161539464E+00 a      1002     0    42     1    18
 -1.0882682155450800E+01 a      1003     0    42     1    19
 -5.6145599270850854E-01 a      1004     0    42     1    20
  4.5408591344014413E+00 a      1005     0    42     1    21
  2.0086034464441774E+01 a      1006     0    42     1    22
  2.5257029811887910E+00 a      1007     0    42     1    23
  1.6139851002427561E+00 a      1008     0    42     1    24
  5.8617095732730498E+00 a      1009     0    43     1     1
 -5.1051672882932753E+00 a      1010     0    43     1     2
  3.6223352893379457E+00 a      1011     0    43     1     3
 -3.2918260695173611E+00 a      1012     0    43     1     4
 -2.7156854177069096E+00 a      1013     0    43     1     5
  4.9399234863217361E+00 a      1014     0    43     1     6
 -4.4915630994836402E+00 a      1015     0    43     1     7
  3.9257682944209398E+00 a      1016     0    43     1     8
  1.9480279654189208E+00 a      1017     0    43     1     9
  3.3126573091897664E+00 a      1018     0    43     1    10
  1.1391814502106667E+01 a      1019     0    43     1    11
 -1.9824785278998081E-01 a      1020     0    43     1    12
 -2.5746673083279972E+00 a      1021     0    43     1    13
  1.3140193628273702E+01 a      1022     0    43     1    14
  3.8169282810899543E+00 a      1023     0    43     1    15
  1.3132225196805212E+01 a      1024     0    43     1    16
  1.8074918500778459E-01 a      1025     0    43     1    17
  1.4769574257183876E-01 a      1026     0    43     1    18
  6.2937707991442124E+00 a      1027     0    43     1    19
 -7.1409133224323469E+00 a      1028     0    43     1    20
  2.0460038765803010E+00 a      1029     0    43     1    21
 -4.0445525294379152E+00 a      1030     0    43     1    22
  1.9389220999569712E+00 a      1031     0    43     1    23
 -9.4520361982287060E+00 a      1032     0    43     1    24
 -1.9349877702515589E-01 a      1033     0    44     1     1
 -1.7149516675961411E+00 a      1034     0    44     1     2
  1.5130904694659155E+00 a      1035     0    44     1     3
 -3.9447827526661188E+00 a      1036     0    44     1     4
  1.7059983196315465E+00 a      1037     0    44     1     5
  3.0572458171331509E+00 a      1038     0    44     1     6
 -1.9132696209306237E+00 a      1039     0    44     1     7
  4.8110506897514655E+00 a      1040     0    44     1     8
 -2.1258278403838435E+00 a      1041     0    44     1     9
  1.3180471546143704E+00 a      1042     0    44     1    10
  6.1096685996029985E+00 a      1043     0    44     1    11
 -3.6287709363653069E+00 a      1044     0    44     1    12
  2.1260822436147135E+00 a      1045     0    44     1    13
 -3.9135114179588362E+00 a      1046     0    44     1    14
 -2.6399023213307409E+00 a      1047     0    44     1    15
 -1.8587171497459209E+00 a      1048     0    44     1    16
  1.8034730697084262E+00 a      1049     0    44     1    17
  2.2821103714830979E+00 a      1050     0    44     1    18
  4.1337958900487353E+00 a      1051     0    44     1    19
 -3.1689822345224186E+00 a      1052     0    44     1    20
 -2.8780087901225087E+00 a      1053     0    44     1    21
 -2.2698591878828975E+00 a      1054     0    44     1    22
 -1.8146539930915251E+00 a      1055     0    44     1    23
  1.0595738500787713E-01 a      1056     0    44     1    24
 -8.6793704711748321E-01 a      1057     0    45     1     1
  2.2106095235565673E+00 a      1058     0    45     1     2
  2.5475926545686880E+00 a      1059     0    45     1     3
 -1.3656754032353722E+00 a      1060     0    45     1     4
 -1.0212337776195916E-01 a      1061     0    45     1     5
 -7.7905648621985868E-01 a      1062     0    45     1     6
  3.7356636982068054E+00 a      1063     0    45     1     7
 -6.1995036820404295E+00 a      1064     0    45     1     8
  1.1400961353229746E+00 a      1065     0    45     1     9
  1.1548687605432342E+00 a      1066     0    45     1    10
  8.3826214722337458E+00 a      1067     0    45     1    11
  4.7201408593538750E+00 a      1068     0    45     1    12
  2.0729166744794436E+00 a      1069     0    45     1    13
  8.9326743024527140E+00 a      1070     0    45     1    14
 -3.0817998904844497E-02 a      1071     0    45     1    15
  1.0683704029996179E+01 a      1072     0    45     1    16
  2.1700407998069737E+00 a      1073     0    45     1    17
 -8.9858612143921164E+00 a      1074     0    45     1    18
 -8.0885712296010208E+00 a      1075     0    45     1    19
 -3.5483726561739610E+00 a      1076     0    45     1    20
  5.4137997244310485E+00 a      1077     0    45     1    21
 -2.2060935565960498E+00 a      1078     0    45     1    22
  5.6303162373352622E-01 a      1079     0    45     1    23
 -6.9566166320915821E+00 a      1080     0    45     1    24
  5.4798237328735793E+00 a      1081     0    46     1     1
  1.6604386543523129E+00 a      1082     0    46     1     2
  5.6999576808744417E+00 a      1083     0    46     1     3
  2.3322336330544660E-01 a      1084     0    46     1     4
  6.2348292525475442E+00 a      1085     0    46     1     5
  7.5064754203056419E+00 a      1086     0    46     1     6
 -4.7548394632561646E+00 a      1087     0    46     1     7
 -2.4112184878130658E+00 a      1088     0    46     1     8
 -3.1246590115432378E+00 a      1089     0    46     1     9
  1.4079544358687819E+00 a      1090     0    46     1    10
 -4.3209361750161408E+00 a      1091     0    46     1    11
 -2.3337238401520186E+00 a      1092     0    46     1    12
  2.1583345942961700E+00 a      1093     0    46     1    13
 -5.0990239121435357E+00 a      1094     0    46     1    14
  2.5563024220471138E+00 a      1095     0    46     1    15
 -2.6259609787021727E+00 a      1096     0    46     1    16
 -8.1398539953720572E+00 a      1097     0    46     1    17
  6.9930033465590720E+00 a      1098     0    46     1    18
 -7.9588472480007078E-01 a      1099     0    46     1    19
  3.3212676114017965E+00 a      1100     0    46     1    20
 -7.1656105706178268E+00 a      1101     0    46     1    21
 -1.0147765449679742E+01 a      1102     0    46     1    22
 -9.5608787477351187E-01 a      1103     0    46     1    23
  8.3761336128746589E-01 a      1104     0    46     1    24
  2.2136431708545365E+00 a      1105     0    47     1     1
 -3.4008009336022842E+00 a      1106     0    47     1     2
 -2.0294130325537871E+00 a      1107     0    47     1     3
 -2.0453660673844847E+00 a      1108     0    47     1     4
  2.3509298906251548E+00 a      1109     0    47     1     5
  2.7473252365875034E+00 a      1110     0    47     1     6
 -7.5899415200306750E+00 a      1111     0    47     1     7
 -4.2651630702880983E+00 a      1112     0    47     1     8
  2.6642681673672736E-01 a      1113     0    47     1     9
  3.3646635394081752E+00 a      1114     0    47     1    10
  1.5030141755520408E+00 a      1115     0    47     1    11
 -6.2821667227627147E+00 a      1116     0    47     1    12
  4.5395749118501678E+00 a      1117     0    47     1    13
  1.5239489881273818E+00 a      1118     0    47     1    14
  3.3195750029086870E+00 a      1119     0    47     1    15
 -2.4712665281226283E+00 a      1120     0    47     1    16
 -8.5645147279129894E+00 a      1121     0    47     1    17
 -2.2531776788887909E+00 a      1122     0    47     1    18
 -3.7243206408600654E-01 a      1123     0    47     1    19
  3.5073305050695223E+00 a      1124     0    47     1    20
 -3.6985590312402126E+00 a      1125     0    47     1    21
 -1.1379524517562956E+01 a      1126     0    47     1    22
  1.0393950532981218E+00 a      1127     0    47     1    23
  8.8924763975309717E-01 a      1128     0    47     1    24
  2.0452079427421959E+00 a      1129     0    48     1     1
 -7.6247571748817045E+00 a      1130     0    48     1     2
  3.6387033753568048E+00 a      1131     0    48     1     3
 -4.9168916113825354E+00 a      1132     0    48     1     4
  6.5603112620995772E+00 a      1133     0    48     1     5
  2.2521693174911173E+00 a      1134     0    48     1     6
 -1.1808053450647808E+01 a      1135     0    48     1     7
 -2.1346451688044366E+00 a      1136     0    48     1     8
  3.5960062187147863E+00 a      1137     0    48     1     9
 -5.4985886662530357E+00 a      1138     0    48     1    10
 -1.5543378446899023E+01 a      1139     0    48     1    11
 -4.1709296975809984E+00 a      1140     0    48     1    12
  4.9885341718309277E+00 a      1141     0    48     1    13
  6.2660649393883627E+00 a      1142     0    48     1    14
  6.8704407448256521E+00 a      1143     0    48     1    15
 -6.3946256013830505E+00 a      1144     0    48     1    16
 -2.7293278221487860E+01 a      1145     0    48     1    17
 -2.5937746120075817E+00 a      1146     0    48     1    18
 -7.2910245172211132E+00 a      1147     0    48     1    19
 -3.4348529285238283E+00 a      1148     0    48     1    20
  1.0047815437258203E+00 a      1149     0    48     1    21
 -2.3926895191953225E+01 a      1150     0    48     1    22
  4.8968799807419847E+00 a      1151     0    48     1    23
 -7.3594443154468179E+00 a      1152     0    48     1    24
  5.3562255707697881E-01 a      1153     0    49     1     1
 -2.4447981215958131E-01 a      1154     0    49     1     2
  6.8963927691757188E-01 a      1155     0    49     1     3
  5.6435165120514019E-01 a      1156     0    49     1     4
  1.1192597205588570E+00 a      1157     0    49     1     5
  1.0800476007752315E+00 a      1158     0    49     1     6
 -1.7048493459401002E+00 a      1159     0    49     1     7
  1.0524142833105792E+00 a      1160     0    49     1     8
  8.8254110551595211E-02 a      1161     0    49     1     9
  6.6166587610685201E-01 a      1162     0    49     1    10
  1.2035519946498716E-02 a      1163     0    49     1    11
 -2.7366836481518958E-01 a      1164     0    49     1    12
  4.6972144246543895E-01 a      1165     0    49     1    13
  1.0143521519345593E+00 a      1166     0    49     1    14
  1.2244928587655386E+00 a      1167     0    49     1    15
  1.2973993096298206E-01 a      1168     0    49     1    16
 -8.9688966502688683E-01 a      1169     0    49     1    17
  7.2515938156872806E-01 a      1170     0    49     1    18
  1.1351159034046097E+00 a      1171     0    49     1    19
  1.0111494467147688E+00 a      1172     0    49     1    20
 -2.6991816009623981E-01 a      1173     0    49     1    21
 -1.4777237919653492E+00 a      1174     0    49     1    22
  2.3815019826697470E-01 a      1175     0    49     1    23
 -5.3234127487890337E-01 a      1176     0    49     1    24
  9.6560459058662798E-03 a      1177     0    50     1     1
  6.4283995616820810E-01 a      1178     0    50     1     2
 -4.4894758447555139E-01 a      1179     0    50     1     3
 -2.8810344785755622E-02 a      1180     0    50     1     4
 -4.2085878795871623E-01 a      1181     0    50     1     5
 -3.4477874161171435E-01 a      1182     0    50     1     6
  3.2043716766136277E-01 a      1183     0    50     1     7
 -1.8191083348518704E-02 a      1184     0    50     1     8
 -1.6685896924752971E-01 a      1185     0    50     1     9
  3.7414839604135586E-01 a      1186     0    50     1    10
  9.8422300367409477E-01 a      1187     0    50     1    11
  6.6252770303994823E-01 a      1188     0    50     1    12
  7.4586054722488004E-01 a      1189     0    50     1    13
  4.5234286554451408E-01 a      1190     0    50     1    14
  3.8927126691923331E-01 a      1191     0    50     1    15
  3.5384568947054307E-01 a      1192     0    50     1    16
 -4.4181264263579439E-01 a      1193     0    50     1    17
 -4.7289401812330595E-01 a      1194     0    50     1    18
 -5.4003514564691246E-01 a      1195     0    50     1    19
  4.8134324766492270E-01 a      1196     0    50     1    20
  2.9597276323865673E-01 a      1197     0    50     1    21
 -9.8347091595869585E-01 a      1198     0    50     1    22
  8.6243797855744361E-02 a      1199     0    50     1    23
  7.1324892007467597E-02 a      1200     0    50     1    24
 -6.2258637447273758E-02 a      1201     0    51     1     1
 -8.8541489827970909E-01 a      1202     0    51     1     2
  1.0558169276396110E+00 a      1203     0    51     1     3
  7.5702334734687893E-01 a      1204     0    51     1     4
  3.4193520262341535E+00 a      1205     0    51     1     5
  1.7115753529322919E+00 a      1206     0    51     1     6
  1.7061679259241518E+00 a      1207     0    51     1     7
  9.4226079762083748E-01 a      1208     0    51     1     8
  1.4883436739305729E+00 a      1209     0    51     1     9
 -2.5669560817350181E+00 a      1210     0    51     1    10
 -2.4816671112813493E+00 a      1211     0    51     1    11
  4.7836468959576550E-01 a      1212     0    51     1    12
 -7.9533924664037736E-01 a      1213     0    51     1    13
 -1.0815647019070247E+00 a      1214     0    51     1    14
  1.4768214362684833E+00 a      1215     0    51     1    15
  8.5370447446931758E-02 a      1216     0    51     1    16
 -1.9795921210746130E+00 a      1217     0    51     1    17
 -9.4904742997069447E-01 a      1218     0    51     1    18
  1.3674468999509677E+00 a      1219     0    51     1    19
 -7.4287365058594068E-01 a      1220     0    51     1    20
  1.8402877445838197E+00 a      1221     0    51     1    21
 -1.1486990038741927E+00 a      1222     0    51     1    22
 -1.1314060398407173E+00 a      1223     0    51     1    23
 -1.5797896147301242E+00 a      1224     0    51     1    24
 -1.2232603936290061E+00 a      1225     0    52     1     1
  5.8339676491336494E+00 a      1226     0    52     1     2
 -2.7837220614863667E+00 a      1227     0    52     1     3
  9.6453100815422932E-01 a      1228     0    52     1     4
  9.3999614502326723E-01 a      1229     0    52     1     5
 -1.7885348153827738E+00 a      1230     0    52     1     6
  8.8811404072526046E-01 a      1231     0    52     1     7
 -3.5079170082556681E+00 a      1232     0    52     1     8
 -1.5612650202178637E+00 a      1233     0    52     1     9
 -2.5619184946688206E-01 a      1234     0    52     1    10
 -2.7556843546414815E+00 a      1235     0    52     1    11
  1.9090959432585266E+00 a      1236     0    52     1    12
  3.9091016982364906E+00 a      1237     0    52     1    13
 -5.6996035654782684E+00 a      1238     0    52     1    14
 -2.9438901339182815E+00 a      1239     0    52     1    15
 -7.5919232141969673E+00 a      1240     0    52     1    16
  2.0713795896514808E+00 a      1241     0    52     1    17
  1.4084416392477979E+00 a      1242     0    52     1    18
 -2.9941951650118441E+00 a      1243     0    52     1    19
  3.5198072626625971E+00 a      1244     0    52     1    20
 -2.5663344853756929E+00 a      1245     0    52     1    21
 -5.9618506139238814E-01 a      1246     0    52     1    22
 -2.5892382769787364E-01 a      1247     0    52     1    23
  3.9847737112951034E+00 a      1248     0    52     1    24
  3.4412602355996930E-01 a      1249     0    53     1     1
  7.8553065909603548E-01 a      1250     0    53     1     2
 -2.2841007335842427E+00 a      1251     0    53     1     3
  1.1075001031207674E+00 a      1252     0    53     1     4
 -5.4009993079392338E-01 a      1253     0    53     1     5
 -1.3557888859717355E+00 a      1254     0    53     1     6
  9.3698992518241112E-02 a      1255     0    53     1     7
 -3.2278613527102715E+00 a      1256     0    53     1     8
  9.1393727405545511E-01 a      1257     0    53     1     9
 -2.4092321159528360E-01 a      1258     0    53     1    10
 -2.7227664939647691E+00 a      1259     0    53     1    11
  1.1741023187126836E+00 a      1260     0    53     1    12
  5.3157596315355327E-01 a      1261     0    53     1    13
  2.8892564918357753E+00 a      1262     0    53     1    14
  2.1667353010186536E+00 a      1263     0    53     1    15
  8.1316558737115241E-01 a      1264     0    53     1    16
 -8.7026779851051206E-01 a      1265     0    53     1    17
 -5.6318687600503137E-01 a      1266     0    53     1    18
 -2.3261462017869712E+00 a      1267     0    53     1    19
  2.1155070154049973E+00 a      1268     0    53     1    20
  7.1294360122675648E-01 a      1269     0    53     1    21
 -1.8161558173253708E-01 a      1270     0    53     1    22
  2.6653485564794930E+00 a      1271     0    53     1    23
  6.2060024074527709E-01 a      1272     0    53     1    24
  5.1419542418411588E+00 a      1273     0    54     1     1
 -6.7460520252849132E-01 a      1274     0    54     1     2
 -3.4986884031812790E+00 a      1275     0    54     1     3
 -2.4539692173264789E+00 a      1276     0    54     1     4
  2.7794309737630124E-01 a      1277     0    54     1     5
  1.4823006773437291E+00 a      1278     0    54     1     6
 -8.4089598209118712E+00 a      1279     0    54     1     7
  2.8986076952188240E+00 a      1280     0    54     1     8
 -2.8940799377978550E+00 a      1281     0    54     1     9
  1.0057176783267070E+00 a      1282     0    54     1    10
 -2.3670931664221628E+00 a      1283     0    54     1    11
 -4.9535557831106143E+00 a      1284     0    54     1    12
  2.7627194605031011E+00 a      1285     0    54     1    13
 -4.6723899220022540E+00 a      1286     0    54     1    14
 -2.3030125712383405E+00 a      1287     0    54     1    15
 -6.6845936002546820E+00 a      1288     0    54     1    16
 -4.6657848123980710E+00 a      1289     0    54     1    17
  5.8186992913050561E+00 a      1290     0    54     1    18
  5.7101596894862761E+00 a      1291     0    54     1    19
  1.6433862261873697E+00 a      1292     0    54     1    20
 -5.9422834862637712E+00 a      1293     0    54     1    21
 -2.8868350447613946E+00 a      1294     0    54     1    22
 -2.3685275899377527E+00 a      1295     0    54     1    23
  2.9719983525479461E+00 a      1296     0    54     1    24
 -3.4654967161378964E+00 a      1297     0    55     1     1
 -3.3956285478367829E+00 a      1298     0    55     1     2
 -2.9675129032029575E+00 a      1299     0    55     1     3
 -1.7429105886866363E+00 a      1300     0    55     1     4
 -4.1130596644684037E+00 a      1301     0    55     1     5
 -2.6933693390226630E+00 a      1302     0    55     1     6
  2.7715406325754699E-01 a      1303     0    55     1     7
 -3.2103231830889656E-01 a      1304     0    55     1     8
  6.5612039788688881E-01 a      1305     0    55     1     9
  1.5311157554446413E+00 a      1306     0    55     1    10
  2.9742735018924749E+00 a      1307     0    55     1    11
 -1.2533339296026025E+00 a      1308     0    55     1    12
  1.9867903310263140E+00 a      1309     0    55     1    13
  2.7802236992484897E+00 a      1310     0    55     1    14
 -5.2953107945125488E-01 a      1311     0    55     1    15
  4.2894306335879498E-02 a      1312     0    55     1    16
  4.8423792405602226E+00 a      1313     0    55     1    17
 -5.1253572581233984E+00 a      1314     0    55     1    18
  9.4284468669275157E-01 a      1315     0    55     1    19
 -1.5718522374734731E+00 a      1316     0    55     1    20
  3.1711641287700760E+00 a      1317     0    55     1    21
  4.3593126172417760E+00 a      1318     0    55     1    22
  1.5533086525824800E+00 a      1319     0    55     1    23
 -2.3958280032898635E-01 a      1320     0    55     1    24
  3.2527658692672579E-01 a      1321     0    56     1     1
  2.3810345928671102E+00 a      1322     0    56     1     2
  1.7187149120230125E+00 a      1323     0    56     1     3
  6.4498953721163821E-01 a      1324     0    56     1     4
 -7.7956641682940286E-01 a      1325     0    56     1     5
 -4.8761679041854999E-01 a      1326     0    56     1     6
  4.0732593117280258E+00 a      1327     0    56     1     7
  2.7928763586136984E+00 a      1328     0    56     1     8
  3.7313550808381163E-01 a      1329     0    56     1     9
 -1.1291672722193260E+00 a      1330     0    56     1    10
 -4.4647919811655536E-02 a      1331     0    56     1    11
  4.2593511520284713E+00 a      1332     0    56     1    12
 -3.4177090985422662E+00 a      1333     0    56     1    13
 -1.0013491088076167E+00 a      1334     0    56     1    14
 -2.9562519429596636E+00 a      1335     0    56     1    15
  6.3739352255685966E-01 a      1336     0    56     1    16
  4.9802657651636348E+00 a      1337     0    56     1    17
  4.3199084055729564E-01 a      1338     0    56     1    18
  2.1897675920103499E+00 a      1339     0    56     1    19
 -1.5688617307275907E+00 a      1340     0    56     1    20
  2.9812950139763479E+00 a      1341     0    56     1    21
  5.9631881963858850E+00 a      1342     0    56     1    22
 -1.7346909477575949E+00 a      1343     0    56     1    23
 -1.5761798078850398E+00 a      1344     0    56     1    24
  3.6808739887297413E+00 a      1345     0    57     1     1
  4.4956183425145957E+00 a      1346     0    57     1     2
  7.2836586074732104E+00 a      1347     0    57     1     3
  4.8855867280915906E+00 a      1348     0    57     1     4
 -1.8545925996840567E+00 a      1349     0    57     1     5
  3.6663546445051476E+00 a      1350     0    57     1     6
  8.8087461660877473E+00 a      1351     0    57     1     7
 -1.0512461253709961E-01 a      1352     0    57     1     8
 -9.8900606871325492E-01 a      1353     0    57     1     9
  8.3671876902743882E+00 a      1354     0    57     1    10
  1.2685009349478209E+01 a      1355     0    57     1    11
  2.6578825252029308E+00 a      1356     0    57     1    12
 -2.6828389225839064E+00 a      1357     0    57     1    13
 -1.6676739708356632E+00 a      1358     0    57     1    14
 -3.1091066564319139E+00 a      1359     0    57     1    15
  7.6554567053858404E+00 a      1360     0    57     1    16
  2.1283666105404137E+01 a      1361     0    57     1    17
 -1.3925126802392855E+00 a      1362     0    57     1    18
  6.7762322644979198E+00 a      1363     0    57     1    19
  2.1519322528817857E+00 a      1364     0    57     1    20
  3.3479471946482633E+00 a      1365     0    57     1    21
  1.4714062667426331E+01 a      1366     0    57     1    22
 -6.4930553417401873E+00 a      1367     0    57     1    23
 -1.0240317508022299E+00 a      1368     0    57     1    24
  5.0707047542440495E+00 a      1369     0    58     1     1
 -4.2797175399904563E-01 a      1370     0    58     1     2
 -2.1913622889189051E+00 a      1371     0    58     1     3
 -3.2444806418545906E+00 a      1372     0    58     1     4
 -4.9076420243268126E+00 a      1373     0    58     1     5
  1.6109050548956265E+00 a      1374     0    58     1     6
 -3.6313731231533839E+00 a      1375     0    58     1     7
 -8.7993367324101346E-01 a      1376     0    58     1     8
 -5.7516659734872171E+00 a      1377     0    58     1     9
  3.7190409866398264E+00 a      1378     0    58     1    10
 -3.8511715773229899E-01 a      1379     0    58     1    11
 -2.6361634428949130E+00 a      1380     0    58     1    12
  7.1813698456285779E+00 a      1381     0    58     1    13
 -1.0929735557536691E+00 a      1382     0    58     1    14
 -4.0699722387943531E+00 a      1383     0    58     1    15
 -2.5231997186703685E+00 a      1384     0    58     1    16
 -5.4525085747734110E+00 a      1385     0    58     1    17
 -2.2026096261832402E+00 a      1386     0    58     1    18
  1.7347383081624494E+00 a      1387     0    58     1    19
  2.1959428280320430E+00 a      1388     0    58     1    20
 -2.7930452641520844E+00 a      1389     0    58     1    21
 -4.7640883738059570E+00 a      1390     0    58     1    22
 -5.9575452476462933E+00 a      1391     0    58     1    23
  2.9281838628810503E-01 a      1392     0    58     1    24
  2.1643213014977989E+00 a      1393     0    59     1     1
  3.6214953613006134E-01 a      1394     0    59     1     2
 -2.9052913575531178E+00 a      1395     0    59     1     3
 -4.4643865646918179E-01 a      1396     0    59     1     4
  9.9033289099340915E-01 a      1397     0    59     1     5
  1.1005242189210495E+01 a      1398     0    59     1     6
  6.2703443020861882E-01 a      1399     0    59     1     7
  3.5370239324957562E+00 a      1400     0    59     1     8
 -5.0997072450232199E+00 a      1401     0    59     1     9
  5.9060445844614131E+00 a      1402     0    59     1    10
 -6.8871245855451892E+00 a      1403     0    59     1    11
 -4.9211570422825917E+00 a      1404     0    59     1    12
  9.6279232152391714E+00 a      1405     0    59     1    13
 -5.8561923724853999E+00 a      1406     0    59     1    14
 -2.8382254172451851E+00 a      1407     0    59     1    15
 -8.9006105484970739E+00 a      1408     0    59     1    16
  8.5550811414523120E-01 a      1409     0    59     1    17
  6.7540925099601266E+00 a      1410     0    59     1    18
  1.3267151555391404E+01 a      1411     0    59     1    19
  4.9082342437185202E+00 a      1412     0    59     1    20
 -5.5277930949598844E+00 a      1413     0    59     1    21
 -6.3273751626390542E+00 a      1414     0    59     1    22
 -3.6828688595071273E+00 a      1415     0    59     1    23
  2.7750245137587179E+00 a      1416     0    59     1    24
 -4.5675735641344595E-01 a      1417     0    60     1     1
  6.3026695972701918E-01 a      1418     0    60     1     2
  3.6967762066817205E+00 a      1419     0    60     1     3
  9.4299102713932093E-01 a      1420     0    60     1     4
 -1.3853195149912247E+00 a      1421     0    60     1     5
 -2.5136640144596698E+00 a      1422     0    60     1     6
 -1.0432452438398097E+00 a      1423     0    60     1     7
 -1.0763401572230613E+00 a      1424     0    60     1     8
  1.7936583391137262E+00 a      1425     0    60     1     9
  1.2763677979315879E+00 a      1426     0    60     1    10
 -2.7747795024405089E+00 a      1427     0    60     1    11
  1.0432893403847361E+00 a      1428     0    60     1    12
 -1.5656254285275535E+00 a      1429     0    60     1    13
  2.7797684399454341E+00 a      1430     0    60     1    14
  1.1469922405767283E+00 a      1431     0    60     1    15
  2.4737471265812032E+00 a      1432     0    60     1    16
 -3.0633664408194536E+00 a      1433     0    60     1    17
 -7.8042467574224650E-03 a      1434     0    60     1    18
 -2.8539175865864106E+00 a      1435     0    60     1    19
  1.0547968357440576E+00 a      1436     0    60     1    20
  1.9723649983012956E+00 a      1437     0    60     1    21
  6.0811226157317277E-01 a      1438     0    60     1    22
 -3.1142393912185478E+00 a      1439     0    60     1    23
 -1.8773514861075595E+00 a      1440     0    60     1    24
  3.3498495310065302E-01 a      1441     0    61     1     1
  1.1743802205041097E-01 a      1442     0    61     1     2
  2.9389763944421801E+00 a      1443     0    61     1     3
  6.3507243996012841E-01 a      1444     0    61     1     4
 -9.5893236301325258E-01 a      1445     0    61     1     5
 -5.7980899101260175E-01 a      1446     0    61     1     6
  2.4931549966197375E-01 a      1447     0    61     1     7
 -5.6284407911990630E-01 a      1448     0    61     1     8
 -1.7591406138194419E+00 a      1449     0    61     1     9
  1.2877222055187947E+00 a      1450     0    61     1    10
 -1.8294040294942662E+00 a      1451     0    61     1    11
  2.0447907347167565E-01 a      1452     0    61     1    12
  1.6963808123513693E-01 a      1453     0    61     1    13
  1.2369755004564762E+00 a      1454     0    61     1    14
  5.1528190781636074E-01 a      1455     0    61     1    15
  9.2172635445840839E-02 a      1456     0    61     1    16
 -1.1611525583138356E+00 a      1457     0    61     1    17
 -8.8745081112442947E-01 a      1458     0    61     1    18
 -3.0109848058867944E-01 a      1459     0    61     1    19
  3.6373478347238708E-01 a      1460     0    61     1    20
  6.3990102690441597E-01 a      1461     0    61     1    21
 -6.2061406483753179E-01 a      1462     0    61     1    22
 -1.1920885338465170E+00 a      1463     0    61     1    23
 -1.4315841845621282E+00 a      1464     0    61     1    24
 -6.4479546095139950E+00 a      1465     0    62     1     1
 -2.2192386717890145E+00 a      1466     0    62     1     2
  3.7655536608031146E+00 a      1467     0    62     1     3
  3.6922125798459935E+00 a      1468     0    62     1     4
 -5.9622296148251652E-01 a      1469     0    62     1     5
 -3.2569687300941688E+00 a      1470     0    62     1     6
  5.0065974421605599E+00 a      1471     0    62     1     7
  1.4835468487814865E+00 a      1472     0    62     1     8
  2.8054944856350645E+00 a      1473     0    62     1     9
 -2.1396191953343471E+00 a      1474     0    62     1    10
 -2.8909772873668085E+00 a      1475     0    62     1    11
  1.0828058615492397E+00 a      1476     0    62     1    12
 -4.0373330328951988E+00 a      1477     0    62     1    13
 -1.3625659675749174E-01 a      1478     0    62     1    14
  5.2525259955885497E+00 a      1479     0    62     1    15
 -4.3948331580011553E-02 a      1480     0    62     1    16
  3.0733393963693016E+00 a      1481     0    62     1    17
  1.0254718183378642E+00 a      1482     0    62     1    18
 -6.0031158777664129E-01 a      1483     0    62     1    19
  5.9701906578004238E-01 a      1484     0    62     1    20
  2.6005110169569097E+00 a      1485     0    62     1    21
  3.5237005837950917E+00 a      1486     0    62     1    22
  3.7367964720748374E+00 a      1487     0    62     1    23
  2.6596876137182686E+00 a      1488     0    62     1    24
 -9.0785551521830898E-01 a      1489     0    63     1     1
 -7.7401280491540686E-02 a      1490     0    63     1     2
  4.5621462617550741E-02 a      1491     0    63     1     3
 -5.2674426742753411E-01 a      1492     0    63     1     4
 -3.1011113588489607E+00 a      1493     0    63     1     5
 -1.8669205036885486E+00 a      1494     0    63     1     6
 -1.7264913212823452E-01 a      1495     0    63     1     7
  7.2304133361361966E-01 a      1496     0    63     1     8
 -2.0301024900406515E+00 a      1497     0    63     1     9
 -9.1468306103093033E-01 a      1498     0    63     1    10
 -1.5967966290841842E+00 a      1499     0    63     1    11
  1.4562710793982520E-01 a      1500     0    63     1    12
  6.5453212244480230E-01 a      1501     0    63     1    13
  3.0557046610837996E-02 a      1502     0    63     1    14
 -2.8847606795614583E-01 a      1503     0    63     1    15
  6.4169389769966195E-02 a      1504     0    63     1    16
 -2.0860270498034994E-01 a      1505     0    63     1    17
  2.8524581957835657E+00 a      1506     0    63     1    18
 -2.0772673510784219E+00 a      1507     0    63     1    19
 -1.2115307657010255E+00 a      1508     0    63     1    20
 -9.8398184750577988E-01 a      1509     0    63     1    21
  9.4922442725388134E-01 a      1510     0    63     1    22
  1.9567276670926139E+00 a      1511     0    63     1    23
  1.8100543221411327E+00 a      1512     0    63     1    24
 -4.0856517669565902E+00 a      1513     0    64     1     1
 -1.5928645213656298E+00 a      1514     0    64     1     2
 -8.5859482401047629E+00 a      1515     0    64     1     3
 -2.1658585461506670E+00 a      1516     0    64     1     4
 -2.1354204444258262E+00 a      1517     0    64     1     5
 -5.3332502351451314E+00 a      1518     0    64     1     6
 -1.7393148877336910E+00 a      1519     0    64     1     7
  1.5371913144575979E+00 a      1520     0    64     1     8
 -1.0138731338766742E+00 a      1521     0    64     1     9
 -6.4930530993666515E+00 a      1522     0    64     1    10
 -4.1307217498790898E+00 a      1523     0    64     1    11
 -1.5927992036654703E+00 a      1524     0    64     1    12
  1.2280991327921649E-01 a      1525     0    64     1    13
 -2.1734876304123110E+00 a      1526     0    64     1    14
 -3.0653077826069008E+00 a      1527     0    64     1    15
 -4.0513035528748178E+00 a      1528     0    64     1    16
 -5.3472546984709854E+00 a      1529     0    64     1    17
  2.5602374920519355E+00 a      1530     0    64     1    18
 -6.0753419312198342E-01 a      1531     0    64     1    19
 -8.1214467810398838E-01 a      1532     0    64     1    20
 -4.0900957322351825E+00 a      1533     0    64     1    21
 -9.3145080147392589E-01 a      1534     0    64     1    22
  3.4825305050097914E+00 a      1535     0    64     1    23
  3.8426153538233572E+00 a      1536     0    64     1    24
 -1.2101763970290093E-01 b      1537     1     1
  4.2949564250147543E-01 b      1538     1     2
  7.8791509076768920E-02 b      1539     1     3
  4.1293533160884371E-01 b      1540     1     4
  1.5574112354061412E-01 b      1541     1     5
  8.9873390006274562E-02 b      1542     1     6
 -2.6452297374453265E-01 b      1543     1     7
  4.3669909301471499E-01 b      1544     1     8
  9.0708380726118573E-02 b      1545     1     9
  1.7818714166398636E-01 b      1546     1    10
  1.8900580885873450E-01 b      1547     1    11
  5.3742201697694572E-02 b      1548     1    12
  4.8168011417917411E-01 b      1549     1    13
  6.1160750063366731E-01 b      1550     1    14
 -1.8231831765256976E-03 b      1551     1    15
  6.8458758027467514E-01 b      1552     1    16
  7.1177078797320988E-03 b      1553     1    17
 -1.4940305304527366E-03 b      1554     1    18
  3.0125025516051523E-01 b      1555     1    19
  5.1046287999849761E-02 b      1556     1    20
 -5.8912144752755718E-02 b      1557     1    21
  1.2329109054106895E-01 b      1558     1    22
  5.0871700269966000E-02 b      1559     1    23
  3.2053986873965534E-01 b      1560     1    24
  7.7722194753959173E-01 a      1561     1     1     2     1
 -7.3766873586318643E-02 a      1562     1     1     2     2
  1.3016810278747466E+00 a      1563     1     1     2     3
 -4.2677334964186303E-01 a      1564     1     1     2     4
 -1.5449016996037881E+00 a      1565     1     1     2     5
  2.3117912962773057E+00 a      1566     1     1     2     6
  1.7560932198565310E-01 a      1567     1     1     2     7
 -5.2909602874893180E-01 a      1568     1     1     2     8
  2.0573406109800341E-01 a      1569     1     1     2     9
  2.2324296299193812E-03 a      1570     1     1     2    10
 -7.3402045704290819E-01 a      1571     1     1     2    11
 -6.1864172754119506E-01 a      1572     1     1     2    12
 -8.6874391174894650E-01 a      1573     1     1     2    13
  9.7421534062538495E-01 a      1574     1     1     2    14
 -6.7469342982624192E-01 a      1575     1     1     2    15
  5.2732469640911472E-01 a      1576     1     1     2    16
 -8.1238012981232244E-01 a      1577     1     1     2    17
 -2.0035268091891455E-02 a      1578     1     1     2    18
  1.3043811470332682E+00 a      1579     1     1     2    19
 -4.6006800820438426E-01 a      1580     1     1     2    20
  1.5114123474450785E+00 a      1581     1     1     2    21
 -3.0397828758026950E+00 a      1582     1     1     2    22
  1.4734901471308903E-01 a      1583     1     1     2    23
  7.5948110058420781E-02 a      1584     1     1     2    24
 -4.2866968936898203E-01 a      1585     1     2     2     1
 -9.2540913700980398E-01 a      1586     1     2     2     2
  1.8309121268345438E-01 a      1587     1     2     2     3
  4.1889288476657077E-01 a      1588     1     2     2     4
 -3.5653595881609940E-01 a      1589     1     2     2     5
 -1.8557948600049636E+00 a      1590     1     2     2     6
  5.2881529046871989E-01 a      1591     1     2     2     7
  3.1900606524165793E+00 a      1592     1     2     2     8
 -8.1178552810256976E-01 a      1593     1     2     2     9
 -7.6977901943864879E-01 a      1594     1     2     2    10
  1.5049270725767602E-01 a      1595     1     2     2    11
 -6.9325038056285460E-01 a      1596     1     2     2    12
  1.6214169054490254E-01 a      1597     1     2     2    13
 -1.4285160277674758E+00 a      1598     1     2     2    14
 -3.0012359351418738E-01 a      1599     1     2     2    15
  2.2637581235414703E-01 a      1600     1     2     2    16
  1.8659590508908481E+00 a      1601     1     2     2    17
  1.0577063609745525E+00 a      1602     1     2     2    18
  1.4976177957496062E+00 a      1603     1     2     2    19
  2.1789521873803612E+00 a      1604     1     2     2    20
 -2.0681719512500873E-01 a      1605     1     2     2    21
  4.3755825782115676E-01 a      1606     1     2     2    22
  1.0081860164109977E+00 a      1607     1     2     2    23
  1.3258378495289329E+00 a      1608     1     2     2    24
 -5.6722258144209969E-01 a      1609     1     3     2     1
 -3.4900536652063407E-01 a      1610     1     3     2     2
 -1.0734302612610340E+00 a      1611     1     3     2     3
 -2.8477637931426148E-02 a      1612     1     3     2     4
 -7.1649793771411996E-01 a      1613     1     3     2     5
 -4.3347546221645444E-01 a      1614     1     3     2     6
 -4.2932673358104712E-01 a      1615     1     3     2     7
 -1.8367941723588395E+00 a      1616     1     3     2     8
 -5.7423379106559269E-01 a      1617     1     3     2     9
 -2.4873615418745704E-01 a      1618     1     3     2    10
  6.8678397955709791E-01 a      1619     1     3     2    11
  4.2701333067395558E-01 a      1620     1     3     2    12
 -5.5882517129685549E-01 a      1621     1     3     2    13
 -1.8574168534501032E+00 a      1622     1     3     2    14
  3.1282361880825675E+00 a      1623     1     3     2    15
  3.1514800475999444E-01 a      1624     1     3     2    16
  1.1045872461608293E+00 a      1625     1     3     2    17
  2.5267642634868420E-01 a      1626     1     3     2    18
 -1.0518225285707441E+00 a      1627     1     3     2    19
