     -0.2239601731
     -0.2890564912
      0.5357809030
     -0.4364167174
     -0.1041906346
      0.2088706984
     -0.1568781598
      0.4504291878
     -0.0763795045
      0.8686312611
      0.1869005626
      0.3244301180
     -0.3161303098
      0.0898873046
     -0.2704225092
     -0.3873527083
      0.1334567594
      0.3823424973
     -0.3964867591
      0.6870479792
     -1.3045523823
      0.6923621644
      0.1044936939
      0.0440816746
     -0.7332696073
     -1.8115131489
      1.3821151850
      0.4708380283
     -0.8982822240
      0.5805646766
     -0.0547098079
      0.1281164522
     -0.7650009022
      0.3726754211
     -1.3297590463
      0.9767227724
      0.1224671809
      0.4984394863
     -0.2935192552
     -0.0646651865
     -0.5823761226
      0.3990986590
      0.1932123247
      0.3601963890
     -2.0410407391
     -0.3344232042
     -1.0998877949
     -0.3691264345
     -0.4258075907
     -0.6037778155
      0.1939227083
      1.1271503524
     -0.1614549017
      0.4970917961
      0.4397717535
      0.3009703293
      0.4944107370
     -0.2869040287
      1.7454002935
      1.0967539486
     -0.6262922820
      0.1643447949
      0.5553874648
     -0.4254306057
     -0.1666837415
      0.4647914463
      0.3594126281
     -0.7459352756
      0.6171253374
     -0.3671956079
     -0.2947846304
     -0.5958655947
     -0.0760607231
     -0.9698709136
      1.0293751740
     -1.3698280914
     -0.2829790526
      0.2884218369
     -1.7212154628
      0.0179710692
      0.3519173966
     -0.0088900044
      0.2450399708
     -1.0044547243
     -0.8291700270
     -0.9208348055
      0.1456916441
      0.0744518733
      0.3144154133
     -0.2116483629
     -0.4204816773
     -0.3638848888
     -1.3611485409
     -0.0519947176
      0.2309521949
     -0.3551756313
      0.5457616202
      0.3311715931
      1.1517205947
      1.3454117279
      1.6093110645
     -2.9821123071
      1.9624262936
      0.0602412170
      0.5816589809
     -2.1638745456
      0.9701753542
      0.4187924108
      1.7814622884
     -1.9737122774
      0.4085105201
      0.2661587231
      0.6018781225
     -0.9436983389
     -0.3033701662
      1.2674189485
      1.7863156644
      0.9740828765
     -0.7454041551
      0.2592014925
     -0.7765670029
      0.0969730488
      0.5543685970
      1.8405885073
      0.6175371407
     -0.4360195438
      2.5016436918
     -0.0492255673
     -0.3580893933
     -0.7538858322
      2.3092769035
      0.9693374276
      2.7534251643
     -0.5440974692
     -0.6730062887
      0.3116084686
     -0.8768251015
     -0.7600095452
     -1.2781852219
      0.1578637034
      2.7321484654
      1.2901283995
     -0.0124973879
      0.1551061469
      0.8540447350
     -0.6117255525
     -0.5946861315
     -0.0686125923
      0.7654025309
     -0.2071842535
      0.1152913411
     -0.0895682876
      0.2000011015
     -0.0710777224
     -0.4181441193
     -0.4140438891
     -0.9052054312
     -0.2751298544
      0.1848662228
      0.2560751315
      0.4269738808
     -0.9781832162
     -0.2344951613
      1.1839913149
     -0.5860378875
      0.8250553213
     -0.1176945303
      0.2633157015
      0.8746550159
     -0.9140257858
     -2.5930643239
      3.9556197808
      1.0824861540
     -1.0729040786
      4.4878920620
     -0.1050252943
      0.5385471879
     -1.0745745891
      2.2692386347
      1.4665948669
      0.5991842517
     -0.3667862415
      0.0122880554
      0.0299505372
      0.2271965196
     -1.0933165015
     -0.3728128784
      1.3697192586
      2.5920347661
      1.0325180529
     -0.3401077777
      0.7573631217
      0.1099384142
     -0.1819611593
      0.2679094680
     -0.4408782650
     -0.1611793250
      0.4695227398
     -0.1207922548
     -0.0516422747
      0.0357104158
      0.2267787191
     -0.0958404958
     -0.0856538846
      0.2494231312
      0.2004925661
     -0.4934063084
     -0.0362070292
      0.3429115133
      0.3117304965
     -0.1447703914
     -0.3763636940
     -0.4280907749
     -0.1087054558
     -0.0443413472
      0.1598155260
      0.8023396623
     -0.1762141817
     -0.5873159453
     -0.7081569630
      0.5603174805
     -0.2678569966
     -0.3365888034
     -0.1849478941
      0.2282582077
     -0.0166067696
     -0.1525090614
     -0.1748589416
      0.0912889481
     -0.1341670634
      0.1399491714
     -0.3876875456
      0.7448712754
     -0.1690793069
     -0.0545236327
      0.1658242543
      0.7465299071
      0.2478827667
      0.8577110014
     -0.0875776369
      0.1085323107
     -0.2857666541
     -0.5636269288
     -0.9724856001
     -1.2754091212
      1.3851318124
     -0.3915237900
      0.2262453444
      0.1582349849
      1.9166874957
     -0.5093584744
     -0.7156692971
     -0.9500689872
      1.3399546682
     -0.4863848089
      0.1933520916
     -0.7852615455
      0.8116125108
      0.5190264610
     -0.1080764976
      0.1060673194
     -0.0711287421
      0.2369088319
      0.3432898822
     -0.1549585392
      0.0313976238
      0.1517921528
      0.1828082927
      0.2121754979
      0.6864841087
     -0.2869496160
      0.2882900478
      0.1367952390
     -0.0524775632
      0.1327546174
      0.7100860494
     -0.5407862008
      0.5306304463
     -0.5285917526
     -0.1044644310
     -0.8633991521
     -0.2650785665
     -0.0338548477
      0.0851257130
     -0.7107365389
     -0.0939653843
      0.2812554764
     -0.1237547927
      0.0908247859
     -0.4949010427
     -0.1196146009
     -0.1603548779
      0.0104711257
      0.1882243141
      0.0085684977
      0.0060738607
      0.2490870819
     -0.2445268286
     -0.6832670274
      0.2604244892
      0.1073528427
      0.0506066320
     -0.5726608598
     -0.3024576268
     -0.0296704109
     -0.5054940578
     -0.2304097342
      0.0365554868
      0.0715123512
      0.1242576154
     -0.1777603476
     -0.3558665528
     -0.7550170138
      0.4467092991
     -0.2694617344
      1.0506576795
     -0.2272502942
     -0.8645247541
      0.8430110294
      0.0696466429
     -0.2723471411
     -1.0489180487
      0.7710779379
      0.0951559577
     -0.4170198963
      0.0872337270
     -0.0585025371
      0.0352569947
      0.7969205770
      0.6473214085
      0.0244072025
     -0.1125463072
     -0.6889064166
     -0.4039853696
     -0.1493640325
     -0.1237953158
     -0.2873523124
      0.0494335311
     -0.2186788487
      0.2023212896
     -0.2962144372
     -0.4292087258
      0.1858410786
     -0.2919895072
     -0.0228323408
     -0.4791254268
     -1.0710327425
     -0.0854210542
      0.4452355464
      0.4002144049
      0.2860811799
      0.1017388380
     -0.1794971822
     -0.0089774974
      0.0132170764
      0.4448930969
     -0.4866523266
     -0.1957858947
      0.0405384935
     -0.0228740941
      0.4660771394
      0.3211660695
      0.1319312063
     -1.4685868658
      0.5488947038
     -0.8206960204
      0.4125391566
     -0.0816405375
     -0.4412616307
      1.0678839414
     -0.5520347509
      1.1273983379
     -0.2770997461
     -0.4219885287
     -0.8766600085
     -0.6689647957
     -0.9216337540
      0.3020924525
      0.4591419722
      0.1415999177
     -0.8450980081
     -0.0908273650
      0.7108603511
     -0.3774822159
      0.1793592403
      0.6393336745
      0.3847524857
      0.3282074420
      0.1345352978
      0.4303095276
      0.8167832316
     -0.1831514127
      0.3727867100
     -0.3133563036
     -0.5546463557
      0.3216681401
      0.2555078504
     -0.8058580083
     -0.0730610797
     -0.2969018867
     -0.4338633511
      0.0900482422
      0.1329137424
     -0.1757725296
     -0.3956062112
     -0.3493550572
      0.1636658402
      0.0653984764
     -0.2884924849
     -0.2919959358
      0.0476510701
      0.2981956323
     -0.0532465492
     -0.4564477708
     -0.0650724168
     -0.1486092485
      0.2480040724
      0.0853793613
     -0.0869434967
      0.2577545673
      0.2745848792
     -0.5675602912
     -0.2826062408
      0.2150509947
     -0.2599996441
     -0.2139291683
      0.2589799677
     -0.5059848896
      0.9252430977
     -0.1009936119
     -0.5051045704
      0.3104041588
     -0.5170894705
      0.1955928683
      0.1445699380
      0.8232163896
     -0.2377860578
      0.3126218785
     -0.0647358042
     -0.4645131929
     -0.3474093034
      0.3193350574
      0.7013779813
     -0.5817144841
     -0.2075383930
      0.2437610489
     -0.7235874874
      0.2553094580
     -0.1223103900
      0.3129729517
      0.0158638153
     -0.6868179355
     -0.4359654717
     -0.2482063611
     -0.2637385263
     -0.4081286795
      0.6637663792
     -0.0271549826
      0.5213712737
      0.2849370314
      1.0685199894
     -0.6874951386
      0.0743871425
     -0.2707808740
      0.0174055173
     -0.8147535565
      0.7526089151
      0.1239021781
      0.3450844983
     -1.9164174908
      0.1518826282
      0.6495044406
      0.2584385734
     -0.8344579189
      0.3912855743
      0.4458578611
      0.4825011296
      0.5520442189
     -0.4005103080
      1.5734894285
      0.0393670249
     -0.4968617271
      0.4189668767
     -0.2977824734
      0.0243909179
     -0.2177374770
      0.1313176049
      0.3546536496
     -0.0501056807
      0.3830118681
     -0.1004738733
     -0.0387128307
      0.1426510780
     -0.3366817623
     -0.1831879759
     -0.2069386101
     -0.0713413520
      0.1917901854
     -0.0828446437
      0.4368712834
     -0.1719368566
      0.2043066917
     -0.3364300895
      0.2560579538
      0.3133549386
     -0.3277117189
      0.0243990155
     -0.3118576244
     -0.3061877712
      0.4615638706
     -0.0626552299
     -0.6310376909
     -0.3040565190
      1.0397560521
     -0.3591314033
     -0.6629401590
     -0.1051613307
      0.2358250647
      0.4281023799
      0.0224996493
     -0.5319841739
      0.0370661969
      0.2847474923
     -0.2026014193
     -0.2452008230
      0.4419522222
     -0.0352080985
      0.4756111972
     -0.6345860761
     -0.0430291516
     -0.1160970563
      0.5011131239
     -0.4681561882
     -0.6546071862
     -0.0965173288
     -0.3284287372
      0.0565053980
     -0.0427220007
     -0.2601859033
     -0.1512058428
     -0.4006298726
      0.2753558177
      1.0698472993
     -0.0003184575
      0.6360963615
      0.3024452906
      0.1582316578
      0.5605787543
     -0.7174735255
      0.2049831942
     -0.4421574616
      0.0756973903
      0.0120163826
      0.4781375217
      0.5119491338
     -1.5289533709
     -0.1385185493
     -0.9465345717
      0.6405739241
     -0.2056183652
      0.7556882653
      0.3798607974
     -0.0457779438
      0.9977819148
      0.2864897966
      0.1293034152
      0.0894994036
     -0.0140439826
      0.2624187402
      0.6896290129
      0.3853743684
     -0.9559479472
     -0.6334968729
     -1.0660998321
      0.0843472517
     -0.7318625732
      0.0808325428
     -0.1927229171
     -0.1936879937
      0.3082686655
      0.0109583063
      1.0218918253
      0.4191374494
      0.1408000631
     -0.0395952115
     -0.2619121340
      0.0566365292
     -0.0993175864
     -1.2946311380
     -0.4835207162
      1.4521071546
      0.1356144073
      0.2953978017
      0.1071392681
      0.4513512938
      0.5806245504
     -0.5929912523
      0.1063941119
     -0.2689964226
      1.2720577346
     -0.2092096053
      0.1269961684
     -0.1549614930
      0.0699146177
      0.1732267056
      0.5441345594
     -0.2747322764
     -0.1874868570
     -0.1271316189
     -0.2258297954
      0.1655679171
      0.4215753264
      0.3059676079
     -0.0053790565
      0.7047852008
      0.2279679831
      0.2139855203
     -0.3833104931
     -0.0817624707
      0.2592759043
      0.1553164362
     -0.0254553884
      0.0547404097
      0.0674934327
     -0.3789717274
     -0.5873666733
     -0.4267950674
      0.4330912142
     -0.0194668439
      0.2980790815
     -0.5738395212
      0.2465901861
      0.2711153472
     -0.6091843236
     -0.3410335182
     -0.5045255700
      0.3049694958
      0.5787988233
      0.0218002337
     -0.1626953706
      0.5294286763
     -0.3836802856
     -0.2741436850
      0.5112233494
      0.3387047363
      0.1326553842
      0.3654044187
     -0.6407576035
     -0.2490965075
      0.1255665041
     -0.2430190979
      0.0763389163
     -0.1940431753
      0.0509399065
     -0.2016231098
     -0.0728308520
     -0.3399423978
     -0.1773307409
     -0.0556238339
      0.0022569898
      0.2123901305
      0.4666842054
      0.4355617857
      0.0583172312
      0.3975672024
     -0.0746200048
      0.0088961432
      0.0660807763
      0.1029143912
     -0.3144113520
      0.1636771691
      0.2699719315
      0.0886853581
      0.1342242611
     -0.1401675739
     -0.2005225745
     -0.1377168012
     -0.1664122336
      0.3982718386
      0.0598450212
      0.1732056706
     -0.1845069456
     -0.1974274384
     -0.2787829080
      0.1528994062
     -0.2811907937
      0.1898797406
      0.0868054919
      0.9302726894
     -0.0166074331
     -0.1851723519
      0.1168560198
      0.2453448901
      0.0731244541
     -0.1424844856
      0.2350065129
      0.2779179395
      0.1357565141
     -0.3361870122
     -0.7425426755
     -0.1220618653
      0.9465150457
     -0.3907457966
     -0.0451500983
      0.1845945255
      0.1218375347
     -0.9162103719
      0.1238636155
      0.2264716140
      0.0319887112
     -0.4617336832
      0.1016205575
     -0.4864066055
     -0.2492450626
      0.0300317695
     -0.6172813857
      0.1891309953
     -0.0887049754
      0.0266411093
      0.5127954061
     -0.2186938389
     -0.1254654131
     -0.1411635923
     -0.1764889833
     -0.1480151865
      0.2200877944
     -0.1365773006
      0.0286753651
      0.1188326342
      0.1659965709
     -0.1481566152
      0.0919355137
      0.1927123337
      0.3164418241
      0.2204651153
     -0.1159671862
     -0.2350242798
      0.1685692403
     -0.2274493944
     -0.1658374514
     -0.0644791324
     -0.2484522772
     -0.1317587711
     -0.1905284550
      0.0573403866
     -0.3293861704
      0.2008144008
     -0.1686627422
     -0.0439608417
      0.0771193385
      0.1737718985
     -0.0933047549
     -0.0102896748
      0.1906994296
      0.0873563904
      0.0482905261
     -0.2966177568
     -0.0858236471
     -0.0963286719
     -0.2379501346
      0.1775491427
     -0.2066970625
      0.0585988592
     -0.0585138095
     -0.2233675177
      0.2273069464
      0.1334421048
     -0.1704718955
     -0.1549088665
      0.0730614201
      0.1055016117
      0.2534908630
      0.3037149590
     -0.6394630090
      0.2141364167
     -0.0822006822
      0.2971088331
     -0.3737228274
      0.7379722768
      0.0176041179
      0.1073216605
     -0.1722181234
     -0.0176216401
      0.2125267705
     -0.2678493042
     -0.5377951879
      0.2250481151
      0.1578073327
      0.5566619689
     -0.0753266629
     -0.2156546310
     -0.1946377525
      0.2125541548
     -0.1849901963
      0.3586878229
     -0.2655373500
      0.3689883095
     -0.2279032530
     -0.1133156651
      0.3000723178
     -0.0670056288
     -0.1294473519
     -0.4633225228
      0.5429094174
      0.1455415266
      0.2774727743
      0.2489383807
      0.1388188531
     -0.4166738157
      0.0917029572
      0.1584696463
      0.4064255947
     -0.1305303691
      0.0144739496
     -0.2203861087
     -0.0168387106
     -0.2257062054
     -0.2145540278
     -0.1274752449
     -0.1916477804
      0.1123429559
     -0.1850657055
     -0.2736510133
     -0.1648217961
      0.2181350507
     -0.1521960753
      0.1625287883
     -0.2888354861
     -0.0590812009
     -0.2795548271
      0.2874291037
     -0.2555476063
     -0.1159567542
      0.2917895931
     -0.0616862974
      0.2611557942
     -0.4365076085
     -0.1338513297
      0.2515272369
     -0.3152088557
      0.2717741639
      0.0961871892
      0.2721263295
     -0.4274282655
      0.3274474409
      0.2825509341
     -0.1872988823
      0.2454678846
      0.0273388565
      0.1911396011
     -0.0296943757
      0.2888793339
     -0.0254633369
     -0.0334232362
     -0.1965358040
      0.1360353402
     -0.2403003302
     -0.1631156688
     -0.2254819673
     -0.1002590605
     -0.4906189790
     -0.0341355350
     -0.2743954033
     -0.3147696408
     -0.4563099468
      0.1935070534
      0.3260290506
     -0.7118720762
      0.0950472350
      0.3272605206
     -0.5522395837
     -0.1116153613
     -0.0615992043
      0.6983953109
      0.0045532143
     -0.3638207257
     -0.1631720038
      0.0657283315
      0.3046832706
      0.1897472662
     -0.0594061750
      0.1560293450
      0.2579825424
      0.1755037798
     -0.4947362656
     -0.4421055530
     -0.3270840710
      0.1340932014
      0.0298041672
     -0.1609586406
      0.0639908082
      0.1875745372
     -0.2256335708
     -0.6084252301
      0.3565961693
     -0.1518942273
      0.0718658281
     -0.6860211785
     -0.0466165713
      0.2780656877
      0.3518348434
      0.1331338021
      0.0962739341
     -0.1035299899
      0.3898421746
      0.5240435366
     -0.1759800776
     -0.0247288028
      0.7252214554
      0.6401788394
     -0.0753396979
      0.1304919476
      0.3440992201
     -0.3104003761
     -0.0251290682
     -0.1519255699
      0.5976928083
     -0.1744689334
     -0.1878418163
      0.2892294929
      0.1675853206
      0.3537423701
      0.1996869309
     -0.1273035927
     -0.0964003819
      0.2326698698
     -0.2284843025
      0.2552405242
     -0.0081869563
     -0.2591771136
     -0.0459974836
     -0.2562843177
     -0.6365433137
     -0.2755357640
     -0.3201315645
      0.0698445208
      0.0966711661
     -0.3508219218
     -0.2255422393
     -0.0920708781
     -0.0719488723
      0.1372179005
      0.0173439113
     -0.2786913471
      0.3055375337
      0.0898261949
     -0.4646004121
     -0.0602947860
     -0.4580337341
     -0.6462667567
     -0.0331523873
     -0.4237076120
      0.0239744687
      0.2148726649
      0.0393377761
      0.2947874084
      0.2189467649
      0.0543104010
      0.1772557599
      0.2938650124
     -0.4751641652
      0.0901566545
      0.1622380396
     -0.3417902558
     -0.6660772017
      0.2565969068
     -0.7949237797
     -0.1986062587
      0.1140256642
      0.4136942882
     -0.9251391925
     -0.0757234264
      0.2617171975
      0.0106016486
      0.0767787368
     -0.1727930754
     -0.1717951034
      0.3246271772
     -0.1588407962
     -0.3604499919
     -0.2256337561
     -0.2723219333
      0.2902975889
     -0.0561634109
     -0.1700635617
     -0.2149047424
      0.2941728340
     -0.3782559938
     -0.1329907133
     -0.1250459758
     -0.2120438701
     -0.0308626894
     -0.3967919514
      0.1710627669
     -0.1431663985
     -0.3746635638
      0.0517192415
     -0.5205322964
     -0.0589226397
     -0.1969232393
     -0.3066155430
     -0.2997863506
      0.0259630338
     -0.2771166278
      0.0200536404
     -0.2288573245
     -0.1933598913
      0.0940508188
     -0.1613581662
      0.0726369452
     -0.0849777131
      0.2298420794
      0.2040185147
     -0.2697093058
     -0.0716688883
     -0.1978407954
     -0.3602599717
      0.1564052304
     -0.1021476261
      0.3672662996
     -0.1201543475
     -0.0217053702
      0.2413312670
      0.0297060158
     -0.1490389241
     -0.2240562849
     -0.3724689670
      0.3566670443
      0.1429455584
      0.0043305470
      0.3840386310
      0.1038020825
      0.9351510345
     -0.2068183287
      0.5386079244
     -0.7741450714
      0.7466504161
     -0.1943105560
     -0.5231113449
     -0.0191304192
      0.7001453872
      0.5906808896
      0.0262059890
     -0.8049366864
     -0.1241277925
     -0.7762261705
     -0.2791155405
     -0.0371542413
      0.2675249141
     -0.1770025845
     -0.2208683672
      0.2708177828
      1.0033451869
     -0.2414572034
     -0.1524717696
      0.7128474246
      0.4640900024
     -0.2176236491
     -0.1553696712
     -0.2129457173
      0.3983617719
     -0.8507034371
     -0.1262440964
      0.1220328051
      0.1160077759
     -0.2605868973
     -0.2495134505
      0.3623890363
     -0.1415898191
     -0.4191732166
      0.0406582724
      0.0718577773
      0.1496609862
     -0.1748442803
     -0.0360231849
      0.5281293999
      0.1647712635
     -0.3737534804
     -0.0003818101
     -0.0860116391
     -0.3527023955
      0.9066721828
     -0.5054037869
      1.3967773258
      0.3308733003
     -0.8101165949
     -0.1701906113
      0.0326898126
      0.0456311078
     -0.8172114589
      0.3632423629
      0.2547193963
      1.7184747056
     -0.3325847110
     -0.0219705915
     -0.3396690900
     -0.4896859429
     -0.8061885177
      0.0562557469
      0.0426109955
      1.1270260659
      0.1978278639
      0.3555330430
     -0.4205515606
      0.2244535595
      0.0027001839
     -0.1511238662
      1.0221463368
     -0.1998688245
     -0.5258218789
      1.0979950047
      0.1947889256
      0.0773329353
      0.0106326423
      0.6209967633
      0.8754184167
      0.7652367209
      0.4189213568
      0.0726992653
     -0.1964993809
      1.0513144954
      0.3679691199
     -0.1822782300
      0.3953167563
     -1.2159028586
     -0.5042632463
     -0.2006553483
     -0.0590238787
     -0.2107739833
     -0.2811602733
      0.5915397854
     -1.4086511366
      0.0354516238
      0.1087823027
     -1.6369793196
      0.1461448822
     -0.2040523289
      0.1713835879
     -0.8123613069
     -0.5835625972
     -1.0458392292
     -0.5057475684
     -0.0737338190
      0.3022676417
      0.4626255853
     -0.3349877795
     -0.2636487356
      0.2907196273
     -2.5191013663
      0.0198187763
     -0.2756906473
      0.2587813749
      0.0752319447
      0.2244250460
     -0.2206637195
     -0.1500361724
     -0.3122146804
     -0.1252291102
     -0.0606614266
      0.1402329871
     -0.2063087809
      0.1659921251
      0.2339740433
     -0.1422252155
      0.0414799280
      0.1046118667
     -0.1292214002
      0.0211789212
     -0.2929434303
      0.0373991175
      0.3099267097
      0.2181291827
     -0.1527886656
      0.1874393977
     -0.0687664916
     -0.0951589726
     -0.2659103070
      0.2954255720
     -0.3130544358
      0.1425701354
      0.1341002252
     -0.0487407572
      0.2712452137
      0.2456469476
      0.2507679627
      0.3691320498
      0.1826826277
     -0.1923227481
     -0.0707605424
     -0.1275055204
     -0.2923022591
     -0.2927400286
     -0.2283899154
      0.3004942224
      0.2390094315
      0.2355204403
      0.2816958211
     -0.1570650694
      0.1371561493
      0.1233575378
      0.1378630955
      0.1581478192
     -0.2000683801
     -0.1936055724
      0.0330164445
      0.1161354172
     -0.0531651920
     -0.1870910155
      0.2408720227
     -0.0066283502
     -0.3551780278
      0.3215677642
     -0.6508838190
      0.4753330114
      0.0176751893
      0.0981501157
     -0.0209759064
      0.0475419764
      0.1514113567
      0.0274877437
     -0.7051329767
     -0.3490638038
      0.2619605722
      0.1992121740
      0.1039620148
      0.1287355052
     -0.7350981325
      0.7595352996
      0.0793379148
     -0.4082601559
      0.4552635858
     -0.0426267606
     -0.1790960296
     -0.4204475345
      0.6928198549
      0.6263622949
      0.5307205521
     -0.3292490347
      0.0341304394
     -0.1890507970
     -0.3370311888
     -0.2028876626
     -0.0106108026
     -0.2202963553
      1.9958595272
      0.3398436553
      0.2327178532
      0.2766049135
      0.0667611620
      0.1752378890
      0.3306011218
     -0.0465376825
      0.2967759349
     -0.2094143222
     -0.2603401818
      0.0629872513
      0.0131519017
     -0.5593602609
      0.4794681079
      0.2541356636
      0.1239809989
     -0.3077968863
     -0.2210012908
     -0.1810088502
     -0.0507354872
     -0.0272238766
      0.0689568300
     -0.1137325387
      0.3113219778
     -0.0898615820
      0.0535066294
     -0.0865066128
      0.1439989096
     -0.2164236272
     -0.1746582217
     -1.1620919860
      0.3737572841
      0.2074546805
     -0.0893689691
     -0.2286581544
     -0.2363129111
      0.6584234459
     -0.0942764838
     -0.1879468846
     -0.8973033758
      0.0703180634
     -0.1385208445
     -0.3372100648
     -0.6529512420
      0.4344775268
      0.2042141784
      0.4522354260
      0.4736367845
     -0.3702847803
      0.4152889271
      0.1628008624
     -0.3426858173
     -0.0262339744
     -0.4042623379
      0.0120128772
     -0.7688767552
      0.9867829503
     -1.5613124905
      0.2866443059
      0.1251223829
      0.6676256891
     -1.4929813994
     -0.5393101779
      0.1990335006
      1.5799387844
      0.1702773673
     -0.4013567540
     -0.4124728579
     -0.0027522949
      0.2780078614
      0.0129861131
     -1.1126144295
     -0.2448525553
      0.4285329129
      0.2062349874
      0.1819248968
      0.0379767637
      1.1323097118
     -2.4960331464
      0.0419460374
      0.3134060806
     -1.7145157125
      0.1577756869
     -0.3983248641
      0.3925812563
     -1.3273455743
     -1.2899686969
     -0.6627827623
     -0.0635053319
     -0.1601216108
      0.1016388175
      1.5151328131
     -0.2354854694
     -0.2252204923
      1.6086383786
     -5.7948573333
     -0.9878205731
     -0.4888163635
     -0.1024241381
     -0.1557927857
     -0.1416768939
      0.1346499044
     -0.5150086655
      0.3536371705
      0.2939493385
      0.1513385610
      0.1392845302
     -0.1834137140
      0.1234155812
      0.1398975109
     -0.4218750060
     -0.0330311979
      0.0566522198
      0.1001270045
     -0.0350792910
      0.1499353085
      0.1495443585
      0.2176562646
      0.1507393960
     -0.2124742006
     -0.1293777550
      0.0779771801
     -0.1442141714
      0.3011302556
      0.0458304122
      0.0976154226
     -0.2351784911
      0.0613735485
     -0.1930239171
      0.3399754890
      0.1096982658
      0.2294572756
     -0.1367010793
      0.0938161936
      0.0532094212
      0.0952060673
      0.3269575104
      0.1196428822
      0.0258964654
      0.1584349106
     -0.0724957434
      0.1676278977
     -0.1174051574
     -0.0266581171
     -0.1608247588
      0.2098837064
      0.3748347494
      0.2730370213
     -0.3220630431
      0.4485806810
     -0.1335484108
     -0.2240046936
     -0.1694511043
     -0.2880748658
     -0.2444516502
     -0.2730188360
      0.2700882173
     -0.2992676969
     -0.2006538778
     -0.1916182592
     -0.2110467167
     -0.2891109638
      0.2030296228
     -0.2009014947
     -0.1077574073
      0.3066504886
     -0.2836552822
     -0.5069118514
      0.0068203869
     -0.0839596088
      0.1123601058
     -0.1355581300
      0.0574320106
      0.1936269179
     -0.2834158849
     -0.1633972498
      0.4161526575
     -0.0744736843
      0.2976282718
     -0.3356209271
     -0.0271934935
     -0.1711288503
     -0.3671677662
     -0.1997834637
     -0.1807437415
      0.2679256158
      0.2128810174
     -0.0441105983
     -0.0116029496
      0.2628989200
      0.0302554035
     -0.4391504724
     -0.0086445301
     -0.0433994158
      0.2869750239
     -0.1502011813
      0.1898780909
      0.0279422470
     -0.1520045758
     -0.2011042897
      0.1841334547
      0.0931291169
      0.2093219470
     -0.1327458690
      0.5550618475
     -0.1494699020
      0.0170964460
     -0.4286169397
      0.2569170945
     -0.1868146735
     -0.0987615714
      0.1841223347
     -0.0073003705
     -0.1204035932
      0.2868995574
     -0.1944349594
     -0.0489819640
      0.2846780491
      0.0933416486
      0.4428110887
     -0.3318666212
      0.5674646309
      0.4816099759
      0.0649350683
     -0.8027425010
      0.2665081293
     -0.3053951054
      0.3921311730
     -0.3864752823
      0.3081059470
      0.1171937696
      0.2090912848
     -0.2520578865
      0.2812519637
      0.2637220905
      0.0966857596
     -0.3720001826
     -0.1968289787
      0.0894946875
      0.9707454764
      0.3354636959
     -0.2600948960
      0.4675383291
     -0.0685354912
      0.4123731536
     -0.4909698124
      1.3339194148
     -0.5509436801
      0.0319086364
      0.7895178430
      0.0720382663
     -0.1913741898
      0.3194305658
      0.0490823597
      0.6154937167
      0.6566633381
      0.1454709829
     -0.0753146517
     -0.1820346433
     -0.2592140762
      0.2954620301
     -0.2134454104
      0.4740866266
      0.6333886744
     -0.3876538275
      0.0737759343
     -0.0637568406
     -0.2639487172
      0.3924447958
      0.3738665156
      0.7205616373
      0.7382008209
     -0.2885536608
      0.1543897222
      0.2406151091
      0.3794960555
     -0.4628135440
      0.2026789345
     -0.2277663988
      0.8012688836
     -0.2521417178
      0.0158797393
     -0.2582411185
     -0.1622998811
     -0.3078941298
     -0.2757468427
      0.1440739182
      0.0701614968
      0.0910340582
     -0.0244018595
      0.0482216932
      2.0310082105
      0.1150500310
      0.3404414699
     -0.1193412979
     -0.2183258615
     -0.3934946311
     -0.7483733984
     -0.2655700832
     -1.4958491745
     -0.8446667297
     -0.5201563887
      0.0071855345
      0.6210488510
      1.2220880690
      0.5556853509
      1.3290278233
     -0.0012251413
      0.1648144662
      0.5338596998
     -0.2889498796
      0.3773852084
     -1.2850164743
     -0.2918469579
      2.0059280908
      0.9292534268
     -0.4236807247
      0.3554088242
      0.0640525925
      0.7500616642
      0.1457142418
     -1.1965465817
     -0.6606564108
     -0.0908496065
     -0.2237091733
      0.2059381931
      0.4759744785
      2.0400095122
     -0.7061340784
     -0.8091832282
      0.8744026216
     -0.0110729158
      0.2547353910
     -0.7144976786
      0.3351161500
      0.5074996504
      0.3064553892
     -0.4478317496
      0.0433335330
      0.2116545441
      0.2493708743
     -0.9810391061
      0.4953708807
     -0.7093813181
      0.6488905745
      0.1149791563
     -0.3647984798
      0.0682786873
     -0.0912063876
      0.8045640031
      0.0593632403
     -0.3071412887
      1.1988180749
     -0.0012086567
     -0.3531651902
     -0.0184317090
      0.3946183844
     -0.3052411308
      0.4503147546
     -0.4708016728
      0.5703909809
      0.2117473327
     -0.1752392421
      0.0907209596
     -0.0551485660
      0.3773388012
     -0.3167724597
      0.7194207032
     -0.9221090394
      0.4978542332
      0.0088798785
      0.2197259315
      0.5322157252
      0.1518149551
      0.7641159772
     -0.0815931172
      0.4715183400
      0.5747847591
     -0.3006068604
      0.2278635380
     -2.4534689159
     -0.5164042965
      0.4141407570
      0.6285447437
     -0.0972217193
      0.2147330369
      0.6502774577
     -0.0059323003
     -0.2182860819
      0.9149605661
      0.6460299408
     -0.3660696017
      0.3570778070
      0.5225861766
     -0.3474048855
     -0.7572587228
      0.2610158991
      1.1450360416
      0.2031901086
      0.0154047761
      1.1565161926
      0.0045338725
      1.3183332563
      1.1152815896
      1.9103517851
      0.5572325868
     -0.5033519173
      0.3242735139
     -0.1788711153
     -0.1001136450
      1.1895690017
      0.0386688688
     -0.0277129362
     -0.4292874318
     -0.4026936164
     -0.5153395001
     -0.0815199135
     -0.6847277293
     -0.6448482587
      0.9389428319
     -0.1257060990
     -0.6193764598
      0.0968951306
     -0.3310033145
      0.2003700122
     -1.2818258775
     -0.6700060231
      0.2104903554
      0.7164805282
      0.5844323448
     -0.2746124519
      0.3978415348
      1.0176326222
      0.7904556902
     -0.6081832850
     -0.2154760765
      0.6755988632
     -0.5500019051
      0.4156122430
      0.2417917201
     -0.8753407140
     -0.7907828520
      0.4673150540
     -0.0074114613
      0.0316252901
     -1.1951221706
      0.5251975623
     -0.6447265912
      0.6621190302
     -0.0001883018
     -0.8227092615
      0.4447490802
      0.0953895806
     -0.8877928978
      0.1576830428
     -0.0823148648
      0.3171563798
      0.5084616712
     -0.3194105642
     -0.7937804093
      0.2592424894
      1.0614452950
      1.7294344469
     -0.1526732061
      2.3441594024
      0.0506850469
     -0.0842370550
     -0.6083445837
     -1.1223828245
      0.3450560171
     -1.0061199126
      0.4600712444
      1.9504380079
     -0.0184614953
     -0.7612539933
      0.0592722768
      1.7939260405
     -0.2710638069
     -0.6329425604
     -0.0954027981
     -0.1529930723
      0.8843149613
      0.1909571256
     -0.0768669077
     -0.0207450198
     -0.1802758282
      0.1900092049
      0.3303949323
     -0.2005421769
     -0.2561126817
     -0.3194696193
      0.2696072553
      0.4714046735
      0.2665515469
      0.3057367302
     -0.1286516602
     -0.5924350164
      0.3860486100
      0.6424399766
      0.0152667648
     -0.8736224250
     -0.4252526547
     -0.8364875569
     -0.4588472348
      0.7234924621
     -0.3690416369
     -0.7050032745
      0.5044377757
      0.2989679804
     -0.5902408066
     -0.0565078962
      0.0484409048
     -1.0455453049
      0.8126526756
     -0.8652133770
      0.3089432663
     -0.6342614595
     -0.3095298279
      0.2176762451
      0.3779432567
      0.2852646341
     -0.9673234677
      0.6165930051
      1.1410953059
     -0.3197225670
     -0.2327993866
     -0.3019549704
     -0.3127902539
     -0.3306150418
     -0.0210154275
      0.3499046250
     -0.6828205329
     -1.0262349374
      0.3382406518
     -0.5077832989
      0.3674568090
     -0.4299969337
      0.2273715441
      0.0274649923
      0.1205981562
     -0.3405072921
     -0.8705132289
     -0.7152770437
     -0.2430114742
     -0.4939596411
      0.1241513624
     -0.1272394741
     -0.7296937399
      0.1635589775
     -0.0803342485
      0.4839273798
      0.3422736874
     -0.0925581419
     -0.2100375658
     -1.2141206312
     -0.7560524921
      0.2713444874
      1.1236983005
     -0.1618337525
      0.1297943835
      1.5101930913
     -0.5522091794
      0.1204529703
      0.1520767264
      0.5182357145
      1.0940610598
     -0.3373975367
      0.5670664971
      0.6112737569
     -0.0617031320
     -0.1394012863
     -0.4788713756
     -0.2426603678
      0.1523962874
     -0.4211688454
     -0.4848609430
      0.3473960963
     -1.0774403131
     -0.4146258172
      0.4597664154
     -0.7235834518
     -0.2642395672
      0.7663280811
     -0.4819569696
      0.0058771284
     -1.0884604484
     -0.9511457857
     -0.6096064305
      0.8111341803
     -0.5747467779
      0.4145347159
      0.8572068519
      0.5675281847
     -0.1266569776
      0.1998306224
      0.4800967190
     -0.5908169237
      0.6224378589
      0.7096074919
      0.1703124696
      0.3044362997
     -0.7901460422
     -0.3444582074
     -0.3513929914
      1.3749628159
     -0.5357644730
     -0.0374060057
      0.1908770574
      1.6610082082
     -0.0053856410
     -0.0707157037
     -0.4921564036
      0.0570485585
      0.8150004955
      0.0941633319
      0.5397872920
      0.7043556013
     -0.3432469692
     -0.2009347711
      0.1466718344
      1.9179771696
     -0.1452667351
     -0.1927729221
     -0.0646104683
      0.0748196190
     -1.1516120355
     -0.3941598221
      0.5942701650
      0.7771043794
     -0.6688649622
      0.3010302621
      0.0620214588
      0.5291348501
     -0.0090053674
     -0.1283818796
      0.4514961575
      0.1668410929
      0.0168899829
      0.3928463840
     -1.3845748955
      0.2701784998
     -0.2561419231
      0.1038014945
     -0.3875074703
      0.7371962856
     -0.5167380477
     -0.4388000852
     -0.0613043318
     -0.3936502394
     -0.5324141906
      0.4524685497
     -0.1434216230
      0.4002309602
     -0.2186551770
     -1.0767095240
     -0.0576698390
      0.1669722081
     -0.0759612677
      0.2993523801
     -0.6503366386
      0.0283449049
      0.1637106436
     -0.3986167832
     -0.6134655758
     -1.0685370541
      0.3884823642
      0.0852759149
     -0.3801826952
     -0.5865211724
     -0.2758800624
      0.1015473595
     -0.5684918541
     -0.0942147550
     -0.0480624226
     -0.1009272058
     -0.8874118921
      0.1298201349
      0.0618969011
     -0.3332097642
     -0.2196814706
      0.3587468066
     -0.0902949956
     -0.5206683003
     -0.2776088182
      0.6204074447
      0.4038723985
     -0.3008874840
      0.3624463350
     -0.9712907515
      0.4982015008
     -0.4650555000
     -0.1940978524
     -0.0144600482
      0.2519255428
     -0.1805251260
     -0.1647400326
      0.1737524473
      0.4378672252
      0.3343072512
      0.1453127370
      0.2839117633
     -0.6285716559
     -0.0120506131
     -0.4087865075
      0.1732117179
      0.9360408053
     -0.4511584181
     -0.2098175734
     -1.2319450802
      0.2799596258
     -0.7484413647
     -0.0748000628
     -0.6367438991
      0.4340390467
      0.3063812690
     -0.0945048096
      1.5670024660
     -1.5236296560
     -0.1962010524
      0.2574270245
      0.2536584352
     -0.7499594009
     -0.7650710615
     -1.2848098692
      0.1591074122
     -0.4296906857
     -0.2043372884
      0.2060297485
      0.0400890206
     -0.6191149093
      0.4987779767
     -0.0691171259
     -0.7503188161
      0.1860034170
     -0.3483970448
      1.5639547191
     -0.2308246393
      0.1261083687
      0.1667978194
      0.1847253579
     -0.5044859521
     -0.3153800974
     -0.3396481516
     -0.2447204051
     -0.1333493263
     -0.2660860693
     -0.0474193346
     -0.5892046091
      0.4098166280
     -0.2526263190
     -0.0696892617
      0.2694220888
     -0.0460744033
     -0.5895120902
      0.0523998148
      0.8970926355
      0.2137131545
      0.0672141543
      1.1023810288
      0.3069689095
     -0.5532081225
      0.4552757452
     -0.2210574177
      0.6370720075
     -0.4134954995
      0.5255471118
      0.7321285011
      0.3993162000
     -0.0176618429
     -0.1537954458
      0.1277690739
     -0.4518862018
     -0.5791293827
     -0.4029138554
     -0.8297855425
     -1.3057193206
     -0.5168308398
      0.0794450121
      0.7151508529
      0.9867359367
      0.7516868365
      0.0854305082
     -0.2789942812
     -0.3094166291
      0.0603240805
      0.2589588519
     -1.3203264408
     -0.3712292112
     -0.3145928103
     -0.4432069960
     -0.5850418678
     -0.3534126079
     -0.2738761051
     -0.6581985388
      0.5221698559
     -0.1217080456
     -0.4858535557
      0.0707437155
      0.7532366878
     -0.4537018286
      0.3919151218
     -0.1267509967
      0.8035737215
     -0.5708127352
      0.0873392041
      0.9067160717
     -0.4558843872
      0.4296548598
      0.5755366446
     -1.3891427570
     -0.0889656704
     -0.2940225416
      0.8916316846
     -0.8335764639
     -0.9102334054
      0.1344194588
     -0.1616727969
      0.2380802465
     -0.7604888541
     -0.4357264961
      1.1768354787
     -0.8486638220
     -0.8882133902
     -0.7374736025
     -0.3890745296
      0.0560267032
      0.4310362943
     -0.8359452099
     -0.3701458667
     -0.1207805517
      0.4218033676
      0.9463932048
     -0.0041281025
     -0.4205095710
     -0.0914058452
      1.0370092271
      0.9415577087
     -0.7747218258
      0.3452670989
     -0.0821338312
     -0.0387802103
     -0.8462728494
      0.8516761129
     -0.2969683208
      0.4184133902
      0.0700114281
      0.6237592920
     -0.2860909173
      0.0119310925
     -0.1893145707
      0.0290945767
     -0.8682455447
      0.9373818065
     -0.6875449340
     -0.0833205314
      0.2119151751
      0.1625538160
      0.4321278125
      0.2154054885
      0.1469107127
     -0.3656468363
     -0.2981377857
      0.5185874552
      0.0263450406
     -0.3138522976
     -0.0220985564
     -0.0728609915
     -0.5185472001
     -0.0499046820
     -0.3219638745
     -0.1659624094
      0.5126600908
     -0.2014651864
      0.5440899689
      0.8893092086
     -0.7086129091
      0.4255964750
      0.1747159135
     -1.0901788341
     -0.2339683186
      0.3459438518
     -0.0347555222
     -0.2333858156
      0.4461528866
      0.2643874210
      0.4882351326
     -0.0449890139
     -0.2884753639
      0.0673593882
      0.6535717450
     -0.1075923615
     -1.3465231957
     -1.0944760060
     -0.7577819673
     -0.3242128672
      1.0336811149
      1.6054169862
      1.0381467984
      0.3342718052
      0.2847746937
      1.0227654511
     -0.8249021943
     -0.1933651117
     -1.1660609606
      0.4712651186
      0.5505861603
     -0.8206874824
     -0.1055453505
      0.9861176168
      1.3460854089
      0.7791909737
      1.1711158119
      0.1950767660
      1.2334565813
      0.2631243808
      0.2726544501
     -0.0653572608
     -0.0564553688
     -0.4589789126
     -0.1205406146
     -0.1863073096
     -0.3434687240
     -0.3712259103
     -0.4187732286
      0.2650199249
      0.3305854147
     -0.5066602658
      0.2548319704
      0.4911831182
     -0.1947025047
     -0.3639975120
      0.0964708470
     -0.3269652059
      0.1057113933
     -0.3616613249
      0.0742917853
      0.0810620007
      0.2573445309
      0.2250657243
      0.2906674936
