     -0.3416941586
     -0.1768623276
      0.5072680689
      0.1562948591
     -0.0460552464
     -0.4444998881
      0.0021581843
      0.1765408912
      0.1335860335
     -0.8448686670
      0.1137956421
      0.4065384023
     -0.3912472547
      0.4124168635
      0.0414665990
      0.1107957432
      0.0116126214
     -0.1210705748
      0.2777042745
      0.0139420113
      0.9086188803
     -0.5852606781
     -0.2299593304
     -0.0926799933
     -0.4581972102
      0.3259091566
     -0.0835726664
      0.3231491662
     -0.2629194072
     -0.3342481694
     -0.1246801954
     -1.1421938936
      0.0257769949
      0.0456108695
     -0.3822066531
     -0.3041282026
     -0.3517848619
      0.4470898775
     -0.2110510515
      0.1991292845
     -0.1803072103
     -0.8711789173
      1.1877066884
     -0.1654496363
      0.2869635347
      0.3250410822
      0.0307226437
     -0.2294045401
     -0.0747126499
      0.4619963166
      0.0215104952
     -0.1972470853
      0.2364581611
      0.6792521109
      0.0705587137
     -1.7824910977
      1.1897406054
      0.1988076913
      1.0150799796
     -1.6895411926
      0.0421822237
     -0.9763956941
     -0.5820184312
     -0.0804904809
     -0.4495731279
     -1.5240691821
     -0.5982734268
     -0.3860964129
      0.6153952681
     -1.3943665621
     -0.0270947318
      0.2999831270
     -0.3586520641
     -0.4710397847
      0.0998692508
      0.0209615751
      0.1024428900
     -0.5881056913
      0.2203580940
      1.1730036370
      0.1399674279
     -0.8141524281
     -0.5243225513
      0.0581712696
     -0.1603913613
      0.6280698907
     -0.1614564441
     -0.1270381659
      0.0440284171
     -0.1565148454
      0.0767868223
      0.1227403500
     -0.8937039742
      0.2236611034
      0.2231410582
      0.1644370019
     -0.3644082643
     -0.0927433600
      0.0856682713
     -0.0688129049
     -0.0387744259
     -0.4007556770
      0.4140359918
      0.4744063474
      0.1954534778
     -0.0453474725
     -0.1443347315
     -0.5325769747
      0.1385803428
      0.2435442731
     -0.6346343476
     -0.2477258830
     -0.0924206109
      0.6173060419
      0.9227820952
     -0.2918710043
      0.2689502631
     -0.8761963812
      0.0169897426
     -0.1820460617
     -0.1006060490
     -0.2667224327
      0.2627818284
     -0.3429825634
     -0.2767519695
     -0.6832062970
     -0.2910377796
      2.4152561114
      0.1414334918
     -0.0146801017
     -0.7324232288
      0.0956769160
      0.6559159951
      0.3104924252
      0.2927912898
     -0.2700004169
     -0.1645751629
     -0.7609577601
     -0.2402577292
     -0.2955142168
     -2.6793346740
      1.7518799524
     -0.2836959801
     -0.3291609149
      0.1694808273
      0.4731575226
      2.1811465761
     -0.2010204996
      0.0529286470
     -1.4527562715
     -0.3048222630
      2.6727144692
      0.3136020256
     -0.6911321791
     -1.7943701293
      2.2876104753
      1.0600186959
      0.3882198800
     -0.5471428487
      0.2443722423
     -1.0339576730
     -2.6075704147
     -0.3871367522
      0.0873697717
     -1.2580967367
      2.1399181888
      0.3826608667
      0.1117368513
     -0.0834244516
     -0.4014249011
     -0.0642200497
     -0.1589442273
     -0.2494896400
     -0.5103179548
      0.0437837233
      2.5324936098
      0.2682533882
      0.3605748150
     -0.4765402356
      0.3153567760
      0.8993490168
     -0.1406841388
     -0.0409699878
     -0.2485953112
     -0.2133758755
     -0.2513241387
      0.2862442468
     -0.3484010187
     -2.3622026266
      2.7133267244
     -0.2951911863
     -0.2538846489
     -0.0382640193
      0.1969452845
      0.1741704183
      0.1077106753
     -0.1829165745
      0.3571247674
      0.2188043044
     -1.4450451020
      0.2296994541
     -0.1999449986
      0.4817243822
      0.3328808852
     -0.6298116155
     -0.0568295341
     -0.0701134764
     -0.2781252417
      0.0065941966
      0.4915483703
      0.0268486476
      0.6019643245
      0.9736336952
     -0.4571256266
      0.0090456867
      0.3012029134
     -0.5791008148
      0.0757376682
      0.1655968834
      0.2350679231
      0.3648225302
     -0.0517567714
      0.2972198178
      0.7983989642
      0.1829244779
      0.1141558349
     -0.1080027229
     -0.2942525305
      0.7959072291
      0.5847262820
     -0.3011540798
      0.0514600255
     -0.0015967835
      0.7340433912
      0.2634741955
      0.1627418072
     -0.2927236900
     -0.3859316584
      0.3132674231
      0.9223280260
      0.2152620473
     -0.3667947530
     -0.2555529325
      0.4431651780
      0.1636311690
      0.0582976305
      0.0525810696
     -0.3979718462
      0.2243380295
     -0.0374240236
      0.2523046214
     -0.4329652132
     -0.1398794997
     -0.2121869996
     -0.0276524701
      0.3585659306
      0.0985179601
      0.1525028326
      0.2490603355
     -0.1819490678
      0.4154324012
     -0.4752108785
      0.2438493895
      0.1616189077
     -0.0202894716
     -0.0337714777
      0.1731621620
     -0.3509314623
      0.2424670962
      0.2519121244
      0.0508135740
      0.3543638150
     -0.1119746805
      0.2575384716
     -0.2361354507
      0.1281245880
      0.5847214882
      0.0399110819
      0.0839383573
     -0.1124369149
     -0.3269211630
      0.0884587194
      0.3759557299
      0.0070083023
      0.2733135092
      0.0232071556
      0.2765582727
      0.0515883647
     -0.0985783492
     -0.2174361987
     -0.0047026297
     -0.1392323058
     -0.0250137896
      0.1706346727
     -0.0752968286
     -0.6513786028
      0.5348582311
     -0.3079557270
      0.7720673168
     -0.1450527417
      0.3754094064
      0.1087142822
     -0.0629075756
      0.2692280355
     -0.2289547135
     -0.2780681493
      0.1981958771
     -0.2874407781
     -0.3728749539
      0.4317366850
     -0.0565879999
      0.1738295919
     -0.3664233792
     -0.1117470061
     -0.3263756427
      0.0385569422
      0.3631892591
     -0.4255816628
      0.0199725774
     -0.2820687132
      0.1680018725
     -0.0820754602
     -0.1864280013
     -0.4096018244
     -0.0457399954
      0.2100043440
      0.0262686968
     -0.1203148943
      0.1778937473
     -0.1671038290
     -0.2486730608
      0.5788512062
     -0.1877566702
     -0.0828945236
     -0.4588628794
      0.2137663366
     -0.3276579806
      0.0801169904
     -0.8223881777
     -0.6923641470
      0.4108404391
     -0.8099745358
      0.2050407390
      0.9714927394
      0.1328569849
      0.1310850293
     -1.1161374328
     -0.7404481938
     -0.0843026618
      0.5162126720
      0.0682266272
      0.2181986368
     -0.7813263757
     -0.0800830609
     -0.1584864380
      0.0911615271
     -1.2090145252
      1.0441322192
      0.1001629926
      0.1266547829
     -0.1832824600
     -0.0391939665
      0.4996295106
      0.6083308467
      0.2732970034
     -0.1375459901
      0.1453843786
      0.6339728214
     -0.1251016470
      0.1923562950
      0.7862002575
     -0.4612343448
      0.0839349447
      0.1127765051
      0.1563705519
     -0.0063586693
     -0.0417563852
      0.2346384319
     -0.3976351678
      0.2084788226
     -0.0910779935
      0.0616713359
      0.3076155778
     -0.3067417836
      0.1837668279
     -0.2794081478
     -0.3736868304
     -0.1928709801
      0.2147577880
     -0.5204343217
      0.3800946761
     -0.6613571760
      0.5220951848
      0.1401532588
     -0.0270618975
      0.1638018006
     -0.1003674320
     -0.2313732766
      0.5476414832
      0.2385563110
      0.1386921051
     -0.5063572258
      0.8169333803
      0.2257557056
     -0.4448044165
     -0.3226504038
     -0.1082232342
     -0.3773963368
      0.2570799056
     -0.6505826360
     -0.3461602386
     -0.3401666973
      0.1229084249
      0.1278169413
      0.2861318484
      0.7115458795
     -0.4654258638
      0.4339981019
      0.6603911578
     -0.4831133977
      0.9978768014
      0.3704772680
     -0.0348624237
     -0.2063866339
     -0.4912705129
      0.2147176545
      0.1193164302
     -0.0412740670
      0.2897397749
      1.3404337193
     -0.7904797102
     -0.5549770224
     -0.5507948467
     -0.1217986861
     -0.4440519641
     -0.0714620545
      0.2777886022
      0.1367326690
      0.0268023417
      0.8252296964
     -0.0047771795
      0.4815329754
     -0.4261719996
      0.3552462975
      0.7740213952
      0.4468083075
      0.2523411317
      0.3115091402
     -0.3468216260
      0.3721098826
     -0.0483266479
      0.4354866289
     -0.5113143689
      0.8316723515
      0.0773339794
     -0.4563477635
     -0.0150782992
      0.6120521803
      0.3819807396
     -0.2632870361
      0.2542751369
      0.4874003701
      0.0866276068
     -0.1791512628
     -0.2006399038
     -0.1199578635
      0.4161470918
      0.1718487554
     -0.5867521039
     -0.6684635451
      0.0785849289
      0.1104148445
      0.0626727210
      0.0690020555
     -0.3744864158
      0.0825849968
      0.4700778556
      0.5118335430
      0.0329061512
     -0.1754763874
     -0.3059041220
     -0.1730258477
     -0.1755414484
      0.3156076663
      0.4670641907
     -0.8399405803
      0.2043237733
      0.8039037611
      0.2422431122
     -0.0441243645
     -0.2533235362
      0.6131547313
     -0.2698804322
      0.7168697499
      0.3013345056
      0.1330412826
      0.4624041920
      0.9358014022
      0.3130961251
      0.3407106381
     -0.7007044865
      0.9163033389
      0.3377279342
     -0.4896254281
     -0.7454906536
     -0.4131955113
      0.2471432095
      0.1268008683
      0.1547289714
     -0.0866675354
      0.2645451799
     -0.5426577407
     -0.1623422686
     -0.0202646911
     -0.0321682847
      0.2567631067
     -0.2272396602
      0.3424964345
      0.3719756161
      0.1615644197
     -0.4679014926
      0.1718677659
     -0.3094396725
      0.2343950819
      0.2968932034
     -0.2669695924
      0.2266151035
      0.3553107216
      0.3227464451
     -0.1836578217
      0.3793310695
      0.2733439148
      0.1587124225
      0.1881524657
      0.1600075163
      0.0596860564
     -0.2537058066
      0.1081577371
      0.0054107084
     -0.2651073849
      0.1333143843
     -0.3091771744
     -0.4780339448
      0.0216889137
     -0.3355660145
      0.0257394699
      0.4279117287
     -0.4372668024
     -0.2080940262
     -0.2177528331
     -0.0887397454
      0.0170765627
     -0.2793366968
     -0.3480419997
      0.2487853868
      0.1691784831
     -0.0559920074
      0.1345355306
     -0.4664593001
     -0.5905926745
      0.7532770016
      0.0514959496
      0.2072869500
     -0.1265860416
     -0.2629333636
     -0.1266793814
      0.4830716082
     -0.4171591606
      0.4044804643
     -0.0977814634
     -0.1261571399
     -0.0835536318
      0.3345345522
     -0.6254585813
     -0.4700393302
      0.0592342474
      0.0521453924
      0.1210184882
      0.3000297704
      0.5034568877
      0.0019833689
     -0.0042103153
     -0.3091251101
     -0.1936591115
      0.2242723116
     -0.1520174802
      0.0172667798
     -0.8725838380
      0.2688283501
      0.8807325345
     -0.1236937551
     -0.1411924499
      0.0077620969
      0.0945586214
      0.4272022945
     -0.2586186776
      0.0512528362
     -0.3434907329
      0.1721738212
     -1.1206345610
      0.1250118144
      0.3868251731
     -0.4506279866
     -0.7142267039
     -0.0806564873
      0.1582131241
     -0.6575560842
     -0.4944756874
      0.5270273374
     -0.4746969182
     -0.2120879826
      1.9708094137
      0.1538222167
     -0.6305007131
      1.3873386886
     -0.1471827924
      0.2608230155
     -0.7009463156
      0.2774254874
     -0.1370696337
     -0.5605519948
     -0.6065308576
      0.0570275762
     -1.4053084010
     -0.0111667923
      0.2628696384
      0.7720752404
     -0.7907261947
      0.2517164362
      0.3243882797
     -0.6261093669
      0.0088587068
      0.3886418330
      0.3524023436
      1.0671968354
      0.5296457488
      0.3824758872
      0.2908278794
     -0.3667476256
      0.0539530263
      0.1544921365
      0.1164479390
      0.5802866937
      0.0412576862
      0.3507073145
      0.1086069929
      1.0340270327
     -1.4608036451
     -0.6744660239
     -0.3479948150
     -0.2937615568
     -0.0524880383
     -0.1712631040
     -0.2059144047
     -0.0894621236
     -0.4543705946
      0.1926904257
     -0.0580258229
      0.0815763456
      0.3691459929
     -0.0807693079
      0.3485740805
      0.1617895269
      0.2093102023
     -0.1689001518
     -0.5240437171
      0.0644756495
     -0.4952715759
     -0.1395077409
     -0.2253097466
      0.0701772934
     -0.3090977566
     -0.1075100900
      0.0322459977
      0.1311585378
     -0.1198401116
      0.0292683093
      0.0143612379
      0.0404420757
      0.1885090415
     -0.1660426270
     -0.1245803022
      0.0509446431
     -0.2417400948
      0.1267490487
     -0.1583011068
     -0.0333536761
      0.2780506678
     -0.1226653212
     -0.0635726631
     -0.4544357548
     -0.0419985418
      0.0230251331
     -0.0334060515
      0.2783862377
      0.3241868941
      0.2657510629
      0.2529882676
     -0.5412130339
      0.0528329572
     -0.0069969410
      0.2205307196
      0.5190420542
     -0.1153657716
      0.1878873418
     -0.4054929985
     -0.5448279712
     -0.3602170296
     -0.3449609172
     -0.0512835031
     -0.1456170527
      0.1168823532
     -0.2709501185
     -0.2327014062
     -0.0615933827
      0.6621674699
     -0.5610589196
     -0.5644646800
     -0.1051661137
     -0.5468610067
     -0.2825137654
     -0.0670210396
      0.2937113425
      0.3003215822
      0.1628593493
     -0.3545816949
      0.2674358952
      0.4871252553
     -0.4677797972
      0.1499349889
     -0.2160596408
     -0.2817788272
     -0.3828989300
      0.1681037505
     -0.2816822463
     -0.0026040937
      0.0253791588
      0.0361164310
     -0.3764126857
     -0.2325749059
      0.2070747773
     -0.4078017213
     -0.2726272868
      0.0489777715
     -0.0483553788
     -0.0126367177
      0.4509935715
      0.3505137915
      0.3343415415
      0.7640794333
      0.8489929060
     -0.6183528884
     -0.0538122802
     -0.0035422081
      0.7414628886
      0.0079614604
     -0.0141551199
     -0.0710966755
     -0.5523204877
      0.0408602805
      0.2228119184
      0.1342342494
     -0.6056088938
      0.4009603917
      0.9313921955
     -0.6272017176
     -0.2706175462
     -0.0456004086
     -0.1255624451
     -0.0558988345
      0.1090798442
      0.1390277663
      0.2083845489
      0.0667661147
     -0.2607940659
     -0.7864550874
      0.2310170349
     -0.2267908494
      0.2071853662
      0.1886737766
     -0.0402219680
     -0.3563758439
     -0.3746512670
     -0.0964780113
      0.0394370774
      0.2264820962
      0.1620991453
      0.1539499811
      0.5319657600
     -1.1906435721
     -0.0364227004
      0.1424432170
     -0.2831316653
      0.1374918646
     -0.0038203323
     -0.1159502453
      0.1240724122
     -0.1466101231
      0.2730818809
     -0.4344219710
     -0.1527701985
      0.0482267911
      0.1415697334
      0.2506681226
     -0.2367782131
      0.0909440768
     -0.2263219495
      0.0747385478
      0.2814510905
     -0.1126313630
     -0.0859458865
      0.0899910273
      0.3866312863
     -0.2714332678
     -0.0729779101
      0.1393554520
      0.1047808193
      0.1854429105
      0.2991316509
      0.2152372253
      0.2604579533
     -0.0416907737
      0.0423713091
     -1.1616282224
     -0.0600338554
      0.0801648544
      0.1290195050
     -0.1020284679
     -0.0575890127
     -0.0752687621
     -0.1574821110
      0.1832343397
     -0.2004740652
      0.6333309721
     -0.0438045871
      0.2095724364
      0.8284134882
     -2.9819375621
     -0.0760097357
      0.3244084447
     -0.2464599944
      0.1534066942
      0.2201726042
     -0.0236996473
     -0.0010697168
      0.2142237712
      0.1829844349
      0.7087925688
     -0.0415047191
     -0.2064825151
      0.0074828710
     -0.2640517148
     -0.0021288286
     -0.0965092813
      0.3215082529
     -0.2640475439
      0.1535430355
      0.0773204535
      0.0597796211
      0.2889288775
     -0.1028423997
      0.1319173183
      0.1220234305
      0.2143590611
      0.0174516823
      0.1991752713
     -0.2498176985
      0.0110492866
     -0.1948001986
     -0.2708683232
     -0.1009346904
     -0.1198349303
      0.2186752061
      0.0106710113
     -0.1553409201
     -0.1608481033
      0.1420758823
      0.1176691182
     -0.2610160420
     -0.2156227845
     -0.3068928183
      0.2619491178
     -0.0827978895
     -0.1803039995
      0.2207811974
      0.2775389839
     -0.2482298484
     -0.2931948247
      0.3037123939
     -0.2260199174
      0.2166688198
     -0.1750169453
      0.0190976430
      0.1186372744
     -0.2961668376
     -0.2882414862
      0.3424954324
     -0.3406384768
      0.0546433590
     -0.3032446209
      0.3129241579
      0.2142402121
      0.1699170879
     -0.2047515984
     -0.0489314245
      0.2146358666
     -0.1624159142
     -0.2240740336
     -0.0549229190
      0.4257963863
      0.0989492018
      0.0376481142
     -0.1955251325
     -0.1768277239
     -0.5627012185
      0.1530381299
     -0.1635944421
      0.0300119066
      0.2537859137
      0.8987745904
     -0.0829395761
      0.1683683650
     -0.0692106143
      0.0817195417
      0.5256973523
      0.1331720709
     -0.2289876991
     -0.1906396196
     -0.2366548625
      0.1299991958
     -0.1152536402
     -0.0097700561
     -0.7239363811
     -0.4870462242
      0.0101841579
     -0.1316087911
      0.1080157476
      0.1178398392
     -0.0348662610
      0.1177994780
      0.2618536064
     -0.1737241538
     -0.0806372634
      0.4181188874
     -0.3653764562
      0.1840273598
      0.0449749717
      0.2688997188
     -0.0799422378
     -0.2841295689
     -0.0578169444
     -0.1069501748
      0.1116162527
     -0.1866199339
     -0.2466882747
     -0.0814629891
     -0.1148204195
     -0.0327553394
      0.1502372398
     -0.0579834724
      0.1624139153
     -0.1808361190
      0.0044505491
      0.1053585062
     -0.0831299177
     -0.2099658947
      0.0899478040
     -1.0773409686
     -0.0510825571
      0.5130481125
     -0.4959411814
     -0.1626445315
      0.0004899006
      0.2974556219
      0.1456407854
     -0.1855045260
     -0.1488851720
      0.5815637231
      0.6255604116
     -0.2238580673
      0.1079273393
     -0.2550357908
     -0.2922119013
     -0.2534445353
      0.0033167103
     -0.0393264541
     -0.0462380318
      0.1085462263
     -0.2871493445
     -0.0262728845
     -0.1634472001
     -1.4678189888
     -0.3977088981
     -0.4443871929
      0.1919533266
     -0.0508352543
     -0.7790909869
     -0.2148648114
      0.2794143053
     -0.2682194909
      0.0444961475
     -0.5467306515
     -0.0525518632
      0.0632994302
      1.1881944889
     -0.1540835139
     -0.1648888710
     -0.3109641813
      0.2516158689
     -0.0192420156
      0.0804194690
      0.1166097170
      0.1081031979
      0.0709920776
      0.1714917021
     -0.7797077600
     -0.0100826433
      0.3843579032
      0.1351098411
     -0.2250627768
     -0.7467150563
      0.2261679249
      0.0408863965
     -0.0826113818
     -0.0955182520
     -0.2464824817
     -0.1038532008
     -0.0545773568
      0.5943359186
     -0.3214678825
     -0.2241929331
     -0.2243759336
     -0.1468673756
     -0.2026983013
      0.0200930965
      0.0447295939
      0.1871185537
     -0.1539618136
      0.2171412334
      0.0541819246
      0.1616364357
      0.1044555900
      0.1871852125
      0.1896166352
      0.2789948911
     -0.2007474137
     -0.1353020836
     -0.2390175870
     -0.2621725911
      0.0996601003
      0.2111377953
     -0.1836651254
     -0.3405168492
      0.2103541981
      0.0786783752
     -0.1590666107
      0.1933946143
     -0.1244727991
     -0.6578838604
      0.4285923560
      0.1983631600
     -0.0105276576
      0.3236055669
      0.1729061708
     -0.5467140241
      0.0926895187
      0.0721670809
      0.3092494854
     -0.0426795952
     -0.1274006574
     -0.2488593277
     -0.1030793517
     -0.0722158812
      0.3604791106
      0.0170387847
      0.2516396648
     -0.2570801024
     -0.6806148821
      0.0003078969
      0.1499719441
     -0.2057462733
     -0.0251291193
      0.2995133473
      0.0005732574
      0.0371103941
      0.4382963261
      0.1775408227
      0.0416270352
     -0.0078884791
      0.1555422541
      0.3565621106
      0.2435921457
      0.6378628013
      0.0322913751
      0.1009701960
     -0.1786785108
     -0.3826768464
      0.3725440353
     -0.2495196742
      0.2505551007
     -0.6321906427
     -0.5544854142
      0.2381338284
      0.3732246128
     -0.1434415225
     -0.8112543302
     -0.3667347565
     -0.3125185934
     -0.2302412487
     -0.2348929238
      0.1028354664
      0.2197976514
      0.0580954212
      0.5176504273
     -1.3536094757
     -0.7546697600
     -0.1890828286
      0.0414340527
     -0.0307859370
      0.2874439860
      0.0596498972
     -1.0048989813
      0.2943980867
      0.0920525329
     -0.9948024660
     -0.3459250417
     -0.0241521014
     -0.0744034742
     -0.1026296367
     -0.5976331533
     -0.6644222608
      0.1281836201
      0.2110784175
     -0.3790867808
      0.1542384286
     -0.0093262237
      0.0481801940
     -0.1240965113
     -0.0256567688
      0.6241181808
     -0.1811327221
      0.1098204611
      0.7225251189
      0.0077244387
      0.1813927641
     -0.4132274936
     -0.2780712513
      0.1689080585
     -0.2939863258
     -0.0150856584
     -0.2872759078
     -0.5613943150
      0.2309718972
     -0.5480060538
     -0.0743494064
     -0.0541858964
     -0.2588325656
      0.7419177828
     -0.2297396776
     -0.6309130033
     -0.2710212976
      0.1527753298
      0.1880354843
      0.7118368032
     -0.8300613842
     -0.3314815807
      0.1795676806
      0.0612469364
      0.0029429550
     -0.2774650406
     -0.0055528002
     -0.1508449837
      0.3647481328
      0.4008076995
     -0.2982629545
     -0.1064179931
     -0.0526237503
     -0.1604417288
     -0.2608665079
      0.0236706728
     -0.0384938956
     -0.0836370000
     -0.1725944530
      0.3775238420
     -0.1259991649
      0.1455755511
     -0.1596131114
     -0.2352073197
      0.2574927009
     -0.0420010793
      0.2626314317
     -0.2331263630
     -0.1723401641
      0.0936555975
     -0.2141377755
     -0.1307907393
     -0.1473853028
     -0.2015356057
     -0.1157334480
      0.1763878352
     -0.1228729546
      0.3395019295
     -0.3219150098
     -0.2395820520
     -0.2684985871
      0.0131396355
      0.0717042976
     -0.3567402597
      0.0048882723
      0.2010684697
      0.2057669845
     -0.0595246624
     -0.4016803149
      0.0476234733
      0.1209094374
     -0.0559491763
     -0.2445021395
     -0.1742280111
      0.0141177892
     -0.3099470530
      0.2592493707
     -0.1546214602
     -0.0906948725
      0.2447935186
     -0.2185997476
     -0.2449926241
     -0.2256355512
     -0.3570065708
      0.1394750967
      0.0224949154
      0.1077343479
      0.1553758914
      0.1147870188
      0.0512129578
      0.0651635889
     -0.1342973941
     -0.0411042972
      0.2104086932
      0.0375790093
     -0.0478131703
      0.1011719346
     -0.2733450030
      0.2935941035
     -0.1865714866
     -0.3483778322
      0.0871616287
      0.0773256876
      0.2182885865
     -0.1835214367
     -0.3455456507
     -0.2177541213
     -0.1094227134
     -0.2492641049
     -0.4672270090
      0.3036597095
      0.9562839585
     -0.1330568666
     -0.0893645365
     -0.1035343485
      0.1949811715
      0.0177428881
     -0.0015637412
      0.1215922296
      0.1994664328
     -0.0670943797
      0.2243784605
      0.0525427579
      0.3555615425
     -0.3113984935
     -0.2376664409
     -0.1301627042
      0.1431639385
      0.0723009554
     -0.2977112152
     -0.2521029110
      0.4010083041
      0.2170311465
     -0.2763187600
      0.0735311458
      0.7264653184
     -0.1104793190
      0.3444471911
     -0.2228752841
     -0.0068770651
     -0.0250008146
      0.0993901303
      0.1974275169
      0.0236239304
      0.0718022969
     -0.1187263445
      0.1800450715
     -0.0635767148
     -0.4452897285
      0.5496887898
      0.2312525639
      0.0832652630
      0.3292987946
      0.1861400704
      0.2458505884
      0.0437552548
      0.2350118023
      0.4705399855
     -0.2151587464
     -0.6010827251
     -0.3002801516
      0.1889867113
      0.2976940841
     -0.2615047269
      0.0702845813
     -0.0839030818
     -0.2449975956
      0.2660409396
     -0.3596587487
      0.0827824637
      0.0350431540
      0.0169335856
     -0.1544892873
     -0.4953608170
      0.2035668882
      0.1322852846
     -0.1105117993
     -0.2209682051
     -0.4095040990
     -0.0431317134
      0.1578843329
      0.1461395738
      0.0764131247
     -0.3859040308
      0.2210812030
      0.4033501782
     -0.2428221681
     -0.4971558291
     -0.5561025921
     -0.2102815644
     -0.0267412673
      0.0422518022
      0.0776926175
     -0.2887496634
     -0.1063450946
     -0.1647224850
      0.4213801908
     -0.0900905482
      0.2938305751
     -0.3952018627
     -0.1652237449
     -0.0143506142
     -0.9088327840
      0.0690140110
     -0.1828654822
      0.0382964420
     -0.2178275491
     -0.3808112117
      0.0862561896
      0.2136630385
     -0.2987830919
      0.4727670234
     -0.3210668929
      0.0217735620
     -0.0095751614
      0.1421320639
      0.1212284110
      0.4293918430
     -0.3077491677
      0.1949760948
      0.0712184395
     -1.8945511880
      0.2676213889
     -0.1395628785
     -0.0165488197
      0.1658575497
      0.2779572327
     -0.1544332945
      0.1780274799
      0.2594479011
     -0.0621300886
      0.1345797433
      0.2115798064
      0.0132226100
     -0.2406033158
      0.4899051110
     -0.3269446582
     -0.0301633803
     -0.2965712748
     -0.1668771637
      0.1521186408
      0.1639346875
     -0.3177748889
      0.2148959826
      0.1990616013
      0.2827732606
     -0.1914055193
     -0.2441508078
     -0.2743534763
     -0.2918057568
      0.0008764031
     -0.1473363858
     -0.1114830190
      0.4518750938
      0.0863603609
     -0.4753140399
     -0.0442998086
      0.0367075694
      0.1518020547
     -0.0523280223
      0.1290504757
     -0.2342260544
      0.1819291813
      0.3002974487
     -0.2640575655
      0.1021213726
     -0.1437295873
     -0.2798149934
      0.1516845074
      0.0573268280
     -0.0728469350
      0.2345993532
      0.1894011759
     -0.0765933471
      0.1049169100
     -0.1659843781
      0.0787929455
      0.3130416789
      0.2094637947
      0.1299763088
     -0.2257456569
      0.2415704452
     -0.0778620230
      0.0305133026
      0.1116396445
      0.1437156484
     -0.2882472709
      0.1269618438
      0.2544029999
     -0.2380518922
     -0.0923153204
      0.2248586544
      0.1975305097
     -0.0539125469
      0.0078910050
      0.2442319192
      0.1571053600
      0.2836945538
      0.0825115578
     -0.3895199237
     -0.2072433772
      0.2455029174
     -0.1043544554
      0.1498872573
     -0.0947866001
      0.2164422003
      0.1263303199
     -0.2586524125
      0.3740162993
      0.2485915575
     -0.3323226267
      0.2986082586
     -0.3519069048
      0.2746726371
     -0.2716362257
      0.1340812009
     -0.4875104766
     -0.1430369126
      0.0149434466
      0.1369989836
      0.2283916967
     -0.4620180094
     -0.3414829026
     -0.0378090002
     -0.2050042586
     -0.7879284044
      0.1543741591
      1.7195997305
      0.2120910891
     -0.0426891530
     -0.3359941317
      0.0991915106
      0.6308468833
      0.3813316296
      0.1269432302
      0.2607473048
      0.0504434084
     -0.0968896811
     -0.2492123815
     -0.0099447359
     -1.5388939290
      0.2773939312
      0.2112085758
     -0.0750641424
     -0.0324300838
      0.3252837933
      0.1373508233
     -0.0690303997
     -0.1031209267
      0.2685534088
     -0.1422854713
     -0.7067968153
      0.1156106997
     -0.1052955149
      0.4483219549
     -0.2069192655
     -0.6914540278
     -0.1573687837
     -0.1799007215
      0.0538734586
      0.3582671783
      0.5163770773
     -0.0175481059
     -0.0472245310
      0.7355599313
     -0.6307262024
      0.1902790415
     -0.1364016916
      0.1348992074
      0.1607370225
      0.3406272684
      0.0969372043
     -0.1413557132
     -0.1288753997
      0.2463522120
      0.5035916430
     -0.1387981004
      0.1830944157
     -0.4136486382
      0.4299182698
      0.2481657209
      0.0716373134
     -0.2803097647
      0.1503943444
     -0.1996922413
     -0.1477157690
      0.0718031472
     -0.2375326121
      0.0157669218
      0.5058863498
     -0.0913828851
     -0.2698829940
     -0.4952595603
      0.2723194229
     -0.2603296945
      0.2173527680
      1.2325795191
     -0.0372105203
     -0.0077324406
     -0.0715200240
     -0.5727805397
     -1.0029899399
     -0.9431871592
      0.3885365982
      0.8279134453
      0.1801997844
      0.4656022947
      0.8564807053
     -1.1047567921
      0.5027544677
     -1.6841516242
      1.0505935388
      0.3715078996
     -0.0214012756
      1.4903522063
     -0.5024455607
     -0.0434358295
     -0.4833366078
      0.0212415921
     -0.2102870512
     -0.3786172636
      0.3580710343
      0.3774080837
      0.3452446905
      0.6855568778
      0.1033953451
     -0.2984464175
     -0.2531327982
     -0.2569569178
      0.9393470019
     -0.0079044935
     -0.3654752928
      0.2014480553
     -0.4588757132
      0.0088346984
      0.0362102532
     -0.2201450742
      0.2077505426
     -0.2630788642
     -0.0815688322
     -0.0826541674
      0.1645337996
     -0.4270925573
      0.3204196698
     -0.0496950676
      0.2574503911
     -0.0374067058
      0.4589215327
     -0.3206785827
     -0.0773624225
     -0.1817920172
     -0.3766547087
      0.2378587695
     -0.3921367739
      0.2823290839
      0.7822096002
     -0.4357943889
     -0.8745481182
     -1.0279385486
     -0.3663490265
      0.2881204996
     -0.0569410837
     -0.2708432115
      0.1358937464
     -0.7980002525
      0.7273069809
     -0.4226917704
      0.8563000403
      0.7506353464
      0.0742729424
      0.3771651369
      0.6918880928
     -0.1206174662
     -0.3840135166
      0.2301703277
      0.5597795262
     -0.6964264000
     -0.6696162556
      0.3885530522
      0.1873381362
     -0.4271584752
      0.1227750248
      0.0488358996
     -0.1907944750
     -0.1557286784
      0.3564715229
      0.1349285610
     -0.3613755536
     -1.6320157699
     -0.3842788970
      0.2732490416
      0.0103478799
     -0.0836088525
     -0.3596680615
      0.1885383365
     -0.4566023840
      0.0544871495
     -0.8123974570
      0.5572684955
      0.3264358203
      0.3872066879
      0.0793133069
     -0.8719606286
      0.6920668210
     -0.2642846982
     -0.2970478050
     -0.3592102523
     -0.1422272805
     -0.5415813289
      0.5823614427
      0.0564041304
     -0.1322688862
      0.3561886807
     -0.1224968006
     -0.1423450617
      0.0134847070
      0.2354088947
      0.2295379734
      0.3523980598
      0.1924349619
      0.4794128207
      0.2310312076
      0.9058099113
     -0.0214372394
      0.4100054626
      0.3456399759
     -0.1831220703
      0.2884919417
      0.2517981828
      0.2195580852
      0.4614171036
     -0.2668339340
     -0.4226066406
     -0.2285551945
     -0.5262215749
      0.1187591182
      0.3691586895
     -0.0450017297
      0.4656684270
     -0.7171006048
     -0.0244355803
      0.4850269568
      0.4219800433
     -0.7529809376
      0.4431448836
      0.2003281272
     -0.0131727020
      0.8066533162
     -0.8392897121
      0.8296188328
     -0.4929188604
     -0.0822536039
     -0.2972951558
     -0.7341498007
     -0.8141253939
     -0.0339664934
      0.1236908153
     -0.3706367391
      0.4319436910
      0.4542846043
      0.3166392367
     -0.0128839536
     -0.4323550665
     -0.0620394664
     -0.6280734026
     -0.3188800962
     -0.7330834559
      0.2836833884
     -0.0751968811
      0.1935501753
      0.0096971810
     -0.3553397816
      0.6247344620
     -0.3979241159
     -0.9859068044
      0.3745168683
     -0.1285549707
      0.2085323550
     -0.2831885683
      0.1196998408
     -0.1460575952
     -0.0618850184
      0.0690732028
      0.3153136774
      0.5467529252
     -0.1310459014
     -0.0989324980
     -0.3504162288
      0.9133782658
     -0.7370331856
     -0.1104235395
     -0.4111456716
      0.2017933220
     -0.0962948354
     -1.6608857175
     -0.2723978655
      0.4457352144
     -0.4257850616
      0.8678737905
     -0.5596339082
      0.1915947033
      0.8734557503
     -0.0184298811
      0.1577471718
      0.8505835104
     -0.3072441490
      0.4689451629
      0.4232294366
     -0.5909499531
     -0.3156607037
     -0.2472655882
     -0.1105050168
     -0.4519886026
     -0.1024298642
      0.3055578393
      0.0960485823
      0.5453868013
      0.7799260672
      0.6679859996
      0.7478392059
     -0.6062955656
      0.2411707389
     -1.2106482710
     -0.2201580891
      0.3361957772
     -0.3739617146
      0.0309436773
     -0.2246038534
      0.1311665738
     -0.0647030488
      0.8062068765
     -0.4365149511
      0.0160960773
     -0.3208361560
      0.6591951159
     -0.7005331210
      0.7869645117
      0.9766909677
     -0.3214214303
      0.3354369131
      0.0937493457
      0.1195905366
      0.6395800615
     -0.0564001933
     -0.6418665022
      0.3288246868
      0.2508217799
     -0.7277463403
     -0.3851571252
     -0.1448990547
     -0.4264182860
     -0.1623349145
     -0.4894037337
      0.0714001052
      0.0577098903
     -0.2801677211
     -1.1042555816
     -1.1517250190
     -0.0783367791
      0.0607030029
      0.4602320038
      0.1148031997
      0.2905099431
      0.2800426611
      1.1776794055
     -0.1697589664
     -0.5612250127
      0.7692714514
     -0.8857057796
      0.5968381942
     -0.1625524592
      0.1518825535
     -0.5073149374
     -0.6919516434
      0.2204657704
      0.2673326244
      0.0946869122
     -0.0522822908
      0.8092677801
      0.1591967901
      0.1171642423
      0.7170079581
      0.2651137415
     -0.0460219226
      0.5803385778
     -0.5466852591
      0.4594789869
      0.3991335854
     -0.4634907509
     -0.4747889162
      0.7672792018
      0.1184270864
     -0.4771739210
      0.0339793047
     -0.9089148036
      0.1633899695
     -1.8867001538
     -0.0695450583
     -0.0008166360
      0.0273948628
     -0.0592113633
      0.0627211920
     -0.7144291924
      0.3512965596
     -0.6826700601
     -0.3217749701
     -0.3190464110
     -0.6487232637
      1.5698844679
      0.3357907868
      0.5891109450
      0.6965107076
      0.1525579341
      0.4650421791
     -0.3782802649
     -0.0401544935
      0.0219369084
     -0.4581336207
     -0.5933061205
      0.2695442033
      0.1130717875
     -0.2252521164
     -0.3907708746
      0.8152956077
      0.5855759450
     -0.9806882873
      0.6200208400
      1.0535893625
      1.3798837805
     -0.0194548551
      0.2827396140
     -0.3460058180
     -0.4311834574
      0.0601000873
      0.5311181088
     -0.0433849445
     -0.3814228124
     -0.6717294259
      0.6840199211
     -1.2776160295
      0.3281829474
     -0.0069079716
     -0.5611491865
      0.6859164131
     -0.7286455949
     -1.1710973683
      0.5729086263
      0.0283454581
      0.1733731362
      0.0979791649
     -0.1640128535
     -0.0009257423
      0.1006802042
     -0.2869114186
     -0.0766765223
     -0.3760001680
     -0.7458996410
      1.0590659769
     -0.9255363995
      0.1872714495
     -0.1357905627
     -0.0526950570
      0.5186528890
     -0.2971081278
     -0.1307689460
     -0.0389293534
      0.4579538476
     -0.0162576642
     -0.0153623277
     -1.1499610611
      0.1329727481
     -0.4362676150
      0.2005774541
      0.0052924090
     -0.4131294373
     -0.2395117192
     -0.1736064206
     -0.1208041272
     -0.4318598118
     -0.1924194073
     -0.8035924206
     -0.4048934272
      0.4766518057
     -0.0113254780
     -0.2217508834
     -0.2422299343
      0.6875324209
     -0.1574388338
     -0.1409885269
     -0.0545965753
     -0.3388586276
      0.1631689940
     -0.1711941603
     -0.0815745134
      0.4366271687
     -0.1088751622
     -0.0109258372
      0.2990556248
     -0.5311246702
      0.2329105115
      0.3236356704
      0.4653059903
     -0.4708809259
      0.6110901618
     -0.9489782790
      0.3563461746
      0.2467924735
      0.3421962152
      0.3217681820
     -0.6496706892
     -0.0792321505
      0.9307876121
     -0.0922528122
      0.8922072136
     -0.1073441869
      0.2985795647
      0.2246232674
     -0.2656233382
      0.7129759716
     -0.7010680075
      0.4800642576
     -1.1598482766
     -0.8631128834
     -0.1571919961
      0.1015938650
      0.3497402038
     -0.2995668812
      1.1100576208
      0.4674486455
      0.8382792190
     -0.7734564922
      0.6796884446
     -0.0822881294
      0.7633794125
      2.0641109970
      0.1285487033
      0.2848335094
      0.3011033627
      0.5475793891
      0.3888529993
      0.1811220829
      0.9392985673
     -0.4995282660
      0.6827110011
     -0.0467415885
      0.7885319260
      0.3952283099
     -0.4277476820
      0.3095064172
      0.7932517326
      0.3024486093
     -0.0184021432
      0.0620589423
      0.1645174904
     -0.3409098503
      0.6795999625
     -0.1843159579
     -0.7213766433
      0.9078659166
      0.0855869709
      0.5261073198
     -0.4932847446
     -0.2310753492
      0.2399529396
     -0.4102765174
      0.4212700592
      0.0230865402
      0.1085390257
      0.4187670308
     -0.0890035475
      0.0162178066
     -0.7281471616
      0.3704951073
      0.5085823444
     -0.1734993287
     -0.1739737906
      0.2596604087
      0.4172778896
     -0.9036482896
     -0.1319675324
      0.1404381589
     -0.3686554969
     -0.0689946613
     -0.0627785036
      0.1078410131
      1.1550791617
     -0.0042279103
      0.0111644377
      0.0050508295
      0.0992004891
     -0.1178565303
      0.5003943069
     -0.0429774862
     -0.0885490464
     -0.1247647341
     -0.2093384271
     -0.6157395630
      0.2982321275
     -0.2860518958
      0.6353801818
     -0.6767196417
     -0.7121907475
     -0.0774239852
     -0.6375127321
      0.2679773797
      0.5345136290
     -0.0386997682
      0.6187005284
      0.4769123129
      0.6148424736
      1.0054880727
      0.5901339692
      0.3832788447
     -0.0998801848
      0.4370220769
     -0.1207359259
     -0.6561942560
     -0.8705395597
      0.3549366102
      0.2720524545
      0.4601004448
      0.1922376213
     -0.4488412156
     -0.4038459036
      1.4520079208
     -0.0678744896
     -0.3108548513
     -0.1748829069
     -1.1658279458
     -0.5082076032
     -2.6134941609
     -1.2734082017
     -0.6962181087
      0.2842234526
      1.2445493150
     -0.1579135838
     -0.0241436565
      0.0787091861
      0.2490285809
      0.4685034802
      1.5069098420
      0.4653733599
     -1.1878089063
      0.3614676725
     -0.0716672377
      0.5548821862
     -0.5762815417
     -0.2496007940
     -0.4574915501
      0.0805514099
      0.5058804394
     -0.4214317335
     -0.2251770871
      0.3678874838
      0.0249135784
      0.4327245105
     -0.1883035870
     -0.0074109894
      0.0484312934
      0.2438995141
     -0.5339183522
      0.2987501544
     -0.2657763116
     -0.3643976703
      0.0583676672
     -0.5486244063
     -0.7185279466
      0.1579193847
     -0.1261442417
     -0.4364429504
      0.0594000705
     -0.2487651786
      0.4387959675
     -0.1633885062
     -0.0560114770
      0.3634050655
     -0.1863461762
      0.0371132995
      1.1190528461
      0.5812821143
     -0.5177473036
      0.6560097358
      0.2549472748
     -0.2605049763
      0.0671946611
     -0.2938999904
     -0.4256310941
     -0.4580358819
      0.2399291512
     -0.3409506615
      0.6647781844
      0.4030838540
      0.7551281583
     -0.1038797379
     -0.9974484750
      0.3992746549
     -0.4769719446
     -0.7348991256
     -0.0273747816
     -0.3638134487
      0.8158440544
      0.3849716849
      1.4970593849
     -0.2183649927
      0.6282659008
      0.6069940103
     -0.9168446543
     -0.5898966617
     -1.1709334107
     -1.6805268712
      0.9662512027
     -0.9272634088
      0.1727950536
      0.3094105951
      1.3257936087
     -0.0086962500
     -0.1034664780
      0.4999084483
     -0.7708774762
     -0.4448439297
     -0.0929605015
     -0.2087647077
     -0.2893957988
      0.3143865955
     -0.0521911874
     -0.1597644035
     -0.6563986216
     -0.2795337815
      0.0300967395
     -0.1765789046
     -0.1229564298
     -0.7151954661
     -0.6148103467
     -0.1189444503
      0.0274745557
     -0.0049471756
      0.0866435902
      0.4158499511
      0.2069775237
      0.1541113996
     -0.1429664756
