     -0.2259241329
     -0.5335919555
      0.2091805716
     -0.3183383570
     -0.1545845888
      0.2247740946
      0.4626885141
     -0.2545245441
     -0.0773700332
     -0.4512897342
      0.1255813032
      0.3808624867
      0.2191467695
     -0.5401078389
     -0.3839833067
      0.3999555651
      0.0145459251
      0.4376617546
      0.0095958769
     -0.0567659524
      0.6794071634
     -0.1319288797
     -0.2515754795
      0.0465687491
     -0.2755638978
      0.0686050243
     -0.7608658011
     -0.0097320004
      0.0446449957
     -0.3039553768
      0.0429108980
      0.1400703091
      0.0425814248
      0.3026717589
     -0.1818247218
     -0.5245075249
     -0.0832060235
     -0.1266341228
      0.0809513680
     -0.3762295685
      0.1362946349
      0.8847976400
      0.4055341173
      0.0488266925
     -0.9886373764
      0.2813773274
      0.3621037457
      0.0108669181
      0.5369013948
      0.0397546217
     -0.4050319863
      0.2923573028
     -0.1192965697
     -0.2166530369
     -0.0508779266
      0.5586883689
      0.2567859035
     -0.0942319657
      0.6515596753
     -0.6398376738
     -0.0775665306
     -0.3471464703
     -0.1323903267
     -0.0351465815
     -0.5468625000
     -0.3219621124
     -0.3620989556
     -0.3473984703
     -0.2193929762
     -0.2552988375
      0.2773229831
      0.1643262176
     -0.1905798377
      0.0982096371
     -0.8656369440
     -0.0511445715
     -0.2629316804
      0.0008066599
      0.1351942102
     -0.2470576951
     -0.0598515919
      0.2267882272
     -0.2152967957
     -0.0109555394
     -0.2855316219
     -0.0829582788
     -0.0916055682
     -0.3188685156
      0.2952017079
      1.0016740539
      0.0763348825
      0.0229593509
     -0.3158815073
      0.1577204768
      0.2983944189
      0.0234259212
      0.1158941892
      0.6249933900
     -0.1619784254
     -0.2380958608
     -0.2032583410
     -0.4705220551
     -0.2218759427
      0.1937600598
     -0.1784559167
     -0.0993520763
      0.7502714769
     -0.8217337637
      0.0090192763
     -0.2084083061
      0.2207310619
     -0.4686363041
     -0.1191907876
     -0.5886652151
      0.1156776737
      0.1190847566
      0.0088309057
      0.0414599115
     -0.1775442318
     -0.1656817549
      0.1258917040
     -0.3885676725
      0.4424069819
      0.3392706991
      0.4457831949
     -1.2202059838
      0.8749524825
     -2.3884332922
     -0.9247550730
      0.7884131774
     -0.0534115799
      0.4553747038
      0.0989312252
     -1.1244952220
      0.1392666240
      0.6575706983
     -0.0318838252
      0.1500620597
      0.0490051089
     -0.0033576673
      0.4026110705
      0.1120396671
     -0.1193053474
      0.0429636536
      0.0494491708
      0.0675963284
     -0.1858581990
      0.1683479068
     -0.2555326326
      0.2683780491
     -0.0588293038
     -1.2221982885
     -0.2176386988
      0.1083245629
      0.1381427710
     -0.1779030854
     -0.4019512700
     -0.4547719377
      0.1615471174
     -0.1846774554
      0.2692519086
      1.2110804905
     -0.0734149159
      0.1424740922
     -0.0195346397
     -0.2729609590
      0.3801585865
      0.3074850744
      0.1905299484
      0.4860287865
      0.1084607145
     -0.0000076217
     -0.5452032792
      0.1446370531
      0.3626644881
     -0.2994463437
     -2.9179336660
      3.0116770125
     -0.9118410863
      0.0191762463
      0.2616660865
     -0.7163438808
     -0.0640757003
     -0.1912754223
     -0.0422047698
      0.1153156250
     -0.2574491697
      0.1639859376
     -0.0235597172
      0.2179707596
      0.1290971081
      0.2336074942
      0.3377015465
     -0.3776870502
      0.3663168383
     -0.1225938380
     -0.0642094607
     -1.5841602432
      0.2514473626
     -1.4671906990
     -0.8567908286
      0.9197364480
      0.1524351105
      0.3002830150
     -0.4538415815
     -0.4316584014
     -0.1188475743
      0.1087084889
     -0.0220590454
      0.1167235629
     -0.0984844815
     -0.0704799408
      0.2853357782
      0.2342914963
     -0.2012794496
      0.0684753499
     -0.0686083768
      0.3475945058
      0.1404295189
      0.2133953744
     -0.0576712004
     -0.1567958207
      0.1843616277
     -0.5056096947
     -0.6159182193
     -0.3018919520
      0.4339037193
      0.1633996177
      0.1050593040
     -0.5662650454
      0.0868446369
      0.1134695854
     -0.3512691220
      0.0813189912
     -0.2688901366
      0.1277504492
      0.4130941615
     -0.1134197418
     -0.0453289187
     -0.0063649910
     -0.2214408769
      0.0287206738
     -0.3111252331
      0.0312512398
     -0.0405819341
     -0.2754952350
      0.0223706032
      0.2913560723
      0.0505456158
      0.3174481828
      0.0307295801
      0.3292392718
      0.1205175288
     -0.2163370493
      0.2353491217
     -0.2366464436
      0.0506921101
     -0.0990882165
     -0.2879535755
     -0.3148839216
     -0.4723314156
     -0.0574278957
      0.6390151412
      0.2129952427
      0.4935500708
     -0.1179571065
      0.4020768527
     -0.1107914570
      0.2784262897
     -0.1141582557
     -0.2089824115
      0.2777589308
      0.3293427225
      0.3022530627
      0.7931238166
     -0.0734311996
     -0.3544746671
     -0.4222772832
     -0.1398664945
      0.4877114394
      0.0877744089
      0.3184175328
      0.0859610532
      0.0526197920
      0.3089310897
      0.0363116978
      0.2888676504
      0.2147888249
      0.3033994197
     -0.0529680058
      0.0708428973
      0.0702936171
     -0.1110783265
     -0.2141027208
      0.3398849433
      0.0457578021
     -0.3093928954
      0.0619202421
      0.1903962873
      0.2366052540
      0.2375656370
     -0.0130553263
     -0.0786398933
     -0.0862838997
      0.3156416954
      0.0470431179
     -0.1772393466
     -0.3202048107
     -0.2350045573
     -0.0658983435
     -0.0356030308
     -0.1795370708
     -0.3698955667
     -0.3341024620
      0.2515600494
      0.4795014644
      0.2446037026
     -0.2248399304
     -0.1364900633
      0.0463549677
     -0.2846285294
     -0.1270264897
      0.0089670352
     -0.8411488436
      0.2992812258
      0.7053232943
      0.3740299686
     -0.0492075201
     -0.6461695073
     -0.2972905280
      0.2857864842
      0.0860735412
      0.2198178863
      0.1561935285
     -0.1377294851
     -0.0736294959
      0.1305326022
     -0.0242462653
     -0.1850375236
      0.1913719454
     -0.1924917540
     -0.1747928767
     -0.1781370012
      1.0454681573
     -0.0460279741
     -0.0860467325
     -0.0023134529
     -0.1524841109
     -0.3858238989
      0.7828045632
     -0.0824845173
     -0.3606657338
      0.2244882274
     -0.2090252427
     -0.0540068041
     -0.1945504714
     -0.0431185022
      0.1621473033
     -0.5253323909
     -0.0899672687
      0.4839672686
      0.4125152572
     -0.3900143090
     -0.5502041970
     -0.2271027876
      0.0803947566
     -0.3047234390
      0.0377144307
      0.4420149293
      0.1423382085
      0.4516396639
     -0.4430557725
     -0.0940896987
      0.2385645001
      0.7268043045
      0.2193282449
      0.0783689481
      0.4179137460
     -0.5623514711
     -0.3572096988
      0.0748210006
     -0.3599999885
      0.2699536509
     -0.2239360552
      0.3707365117
      0.0941209672
      0.5453982565
     -0.0838845371
      0.1944706929
     -0.5576621456
      0.2161514020
      0.3855268711
      0.4488290032
     -0.5545995436
      0.3760445116
     -0.1637466470
      0.8129473927
      0.1064785420
     -0.1792876682
      0.1276325554
      0.1069648550
      0.2279133339
     -0.3543940012
      0.2864088929
     -0.2004519211
     -0.0659311264
      0.0524654870
      0.1105890640
      0.1861037038
      0.0420994545
      0.2860109932
     -0.4435768330
     -0.3069759225
      0.0405989600
      0.3382542014
      0.5574584620
      0.1891381310
     -0.0881971409
      0.0652544170
     -0.6079636943
      0.0355855557
     -0.3134040845
     -0.6828648770
     -0.3023079161
     -0.0597020583
      0.3761961201
      0.2460628311
     -0.0650757416
     -0.2728301287
      0.2351733126
     -0.1118743435
      0.3330954192
      0.2549126630
      0.1628969722
      0.4784271535
     -0.3335668852
     -0.4548854639
     -0.5870028759
      0.3183160979
      0.1008891565
      0.5166849117
     -0.1452044395
      1.6102432360
     -0.0144642197
      0.0447045335
     -0.4451695776
     -0.1381729984
     -0.0073843114
     -0.6824928174
      0.4382220954
      0.2092304855
     -0.2282118573
     -0.4494289777
     -0.0114439606
     -0.2070983426
     -0.1900499754
     -0.5137197144
      0.1939599207
      0.1687302638
     -0.3435402093
     -0.3344469906
      0.0151678912
     -0.1921954800
      0.5840247598
      0.2473325542
      0.1074861511
      0.3011267526
      0.5224634613
      0.2451142283
     -0.6261326412
     -0.1401875734
     -0.4025534493
     -0.4584745632
      0.5399440591
     -0.4458010757
     -0.4361020372
      0.3417866114
     -0.3736507940
     -0.0680385116
      0.0434510541
     -0.0960786462
      0.0535310617
      0.3047992030
      0.1042147117
      0.4082451610
      0.1257974992
     -0.5138022012
     -0.0828772058
      0.1647189732
      0.1639375089
      0.3733709203
      0.1209602457
      0.0827189466
      0.5012674185
     -0.2003704050
     -0.8047296338
      0.0496207177
     -1.1055944193
     -0.1348525126
     -0.3785623775
     -0.0785161240
     -0.2932695926
      0.4682821883
     -0.0033262949
     -0.0437709688
     -0.6843923776
      0.2306574006
      0.4132805350
      1.0156258539
      0.0745924898
     -0.4469529929
     -0.0182481288
     -0.1574885989
      0.4305212327
     -0.1597248428
     -0.1745741705
      0.0414521948
      0.1749083284
      0.7649934280
      0.8197186739
      0.5253221558
      0.1671391911
     -0.0537198074
     -0.3563699616
      0.4446901331
     -0.2002970631
     -0.2086334541
     -0.5125009471
     -0.3605460968
      0.3426382146
     -0.0871498952
      0.7481568074
      0.1399514792
     -0.0724042729
     -0.7769872758
      0.1453848737
     -0.0045163029
     -0.9137020144
     -0.4914340159
     -0.0932565177
      0.2416706884
      0.6373443169
      0.3201294021
     -0.1623586961
     -0.0418121475
     -0.1760316326
      0.3943756998
     -0.7070267147
     -0.2974885712
     -0.2771721349
      0.0927910979
     -0.2445543122
      0.2596669763
     -0.3324775916
     -0.0363453744
     -0.0522868827
      0.0585939460
      0.1092575072
      0.0404599584
     -0.5751471126
      0.0075239183
     -0.1749996102
      0.3842517417
     -0.0048001161
     -0.0307642764
      0.1342157046
     -0.4023499769
      0.2266683739
     -0.3310819914
      0.1523092558
     -0.5027239983
     -0.0462400673
      0.2484533844
     -0.0315596786
     -0.4014139986
      0.0288881258
     -0.2325118275
      0.8766735403
     -0.3668612844
     -0.2346722722
     -0.0408976107
      0.2949942205
     -0.1465394375
     -0.1574110730
      0.4635722328
     -0.2106748703
     -0.1335551062
     -0.0637111552
     -0.1899879782
      0.3768869560
      0.8103487824
     -0.3315801292
     -0.0146506458
     -0.3071228237
      0.0763944968
     -0.1423950042
     -0.5557920449
     -0.3731611649
      0.3843763820
     -0.1601943127
     -0.5313553218
      0.9373362935
      0.0464483532
     -0.1641501171
     -0.1843972998
     -0.1766372179
      0.0754948797
     -0.1640980290
      1.3885897276
      0.6489484821
     -0.0562686057
     -0.0255812905
     -0.0670549178
     -0.3018135763
      0.0309300928
      0.1563762135
     -0.1180597347
      1.0054416162
     -0.0265577297
      0.1352123024
     -0.1824594788
     -0.3235802720
      0.4024228682
     -0.0642147558
      0.5293381991
     -0.2082592338
      0.0375236731
      0.4072613854
      0.0639609304
      0.5623676219
     -0.2491254949
      0.4220683969
     -0.2382541645
     -1.1245417690
     -0.2980956796
     -0.0660832374
      0.0874453809
      0.4372474310
     -0.0827736827
     -0.7474699539
     -0.8278426307
      0.2167316354
     -0.3299350638
      0.0901756888
      0.6072953498
     -0.3591511527
     -0.6732792519
     -0.0841947056
      0.0364050777
      0.2146246566
      0.0163588784
      0.6634091856
      0.4635924370
      0.3784142841
     -0.2195911670
     -0.2927542736
     -0.6319795085
      0.2517016033
     -0.8763698796
      0.4271375153
      0.2873817915
      0.5148668695
      0.3567182782
      0.2377963142
      0.8388555407
      0.3360666942
      0.4811100885
     -0.1393320466
      0.1113343147
     -0.2438105976
      0.0060173648
     -0.0400928642
     -0.2854739205
      0.0237762096
      0.2765056630
     -0.1101158315
     -0.8766864877
     -0.0398664109
     -0.2251890677
     -0.0778168744
     -0.0344510774
      0.0935718770
      0.4358218158
      0.1276532684
     -0.1005378839
      0.1094222110
      0.3792208982
     -0.1374782993
     -0.8607997185
      0.5930439371
     -0.5200213093
     -0.0960657421
      0.5358351076
     -0.3158995437
      0.1525753062
     -0.0118909624
     -0.3906943991
     -0.5334604641
     -0.2074536229
     -0.1911382673
     -0.1154867417
     -0.1986449070
      0.0262862081
     -0.1199463229
     -0.1202972097
     -1.0620000675
     -0.2481509557
     -0.3681678714
      0.0945597061
      1.0254522237
     -0.3424077855
      1.0729598526
      0.1936416127
     -0.2580398674
      0.4063246438
     -0.3956251858
      0.0082231154
      0.0108749045
      0.6346506207
      0.1826347144
      0.4515712141
     -0.4663843658
     -0.2735076202
      0.0229655504
     -0.3649829369
     -0.3445558437
      0.0162726269
      0.1471258791
      0.2743235252
     -0.1149298350
      0.6431874933
      0.0900365855
      0.0906326692
      0.0019210086
      0.2337734310
     -0.0880845686
     -0.4873843476
     -0.0035006422
     -0.0929417024
     -0.1324122579
      0.0845394086
      0.1478475662
      0.0090814307
     -0.7639428708
     -0.1188434420
      0.4599444711
      0.3967090328
     -0.3062617463
      0.2508425509
      0.2842583718
      0.6379009404
     -0.6659918480
     -0.5094452028
     -0.0099208370
      0.1403365542
      0.3718327188
     -0.0145900984
      0.1015292390
      0.4205786726
      0.0006689494
      0.1987881421
      0.0488846981
      0.4730326455
     -0.3413013311
     -0.0799491303
     -0.1723469231
     -0.1828705336
      0.0208036274
      0.1302968259
     -0.0451468637
     -0.0070209221
      0.2326401255
     -0.4307156863
      0.6197994958
      0.5485001944
      0.2528209836
      0.1662850601
      0.0430859248
      0.1741168983
     -0.4532920686
      0.1484364587
      0.1227615390
      0.3631199656
     -0.1753584797
     -0.0665440103
      0.1246785931
     -0.3184143006
     -0.1000979432
      0.1359396924
     -0.1965879299
     -0.1010067219
     -0.3307513964
      0.2429219930
      0.0013490628
     -0.0511856988
     -0.0889497047
     -0.0059695882
     -0.2645260284
     -0.2983057144
      0.2347311039
      0.1368719182
      0.3239596454
      0.2032826718
     -0.2521577471
      0.2799667004
     -0.0943772917
      0.2975745869
     -0.2109981706
      0.2366197680
      0.0335046205
      0.1188616326
     -0.0845225035
      0.2687009065
     -0.2676236899
      0.2864593851
     -0.2552956388
     -0.2880720037
     -0.2212378220
      0.2026457038
      0.0768510114
     -0.2909198341
      0.2191189277
     -0.2738798704
      0.2911339103
     -0.1723909207
     -0.0354437483
     -0.1705783917
     -0.1056334647
     -0.0060880424
      0.1993278608
     -0.0704034547
     -0.2853018010
      0.1177504190
     -0.2647940182
     -0.1734130638
     -0.0886082481
      0.1677974932
      0.0600080426
     -0.3347472415
     -0.2295798495
      0.2385415017
      0.2990580260
     -0.1869557182
     -0.0286349162
      0.2889797330
     -0.1141980954
      0.2889856038
     -0.3032167069
      0.0434876457
      0.2241532591
      0.2853568997
      0.2118471720
      0.0648625000
      0.0389496713
     -0.0239566444
     -0.0214338461
      0.3185278592
     -0.1724190452
     -0.1440885863
     -0.2571234687
      0.0230589986
     -0.1655226620
      0.3020383616
      0.1486493744
      0.1884875508
      0.3369534783
      0.2169933552
     -0.2938791838
     -0.2462982293
     -0.1648943240
     -0.2698356090
      0.0950776054
     -0.0183055324
     -0.4299666839
     -0.1657983757
      0.1672492873
     -0.2518091771
      0.0271393422
      0.1700733073
     -0.0578864419
     -0.0922659651
     -0.0481280515
     -0.1608520191
      0.0897594201
      0.2454316587
      0.0719139124
      0.1303326973
     -0.2655162897
      0.3136332714
      0.2184692936
     -0.2822481989
     -0.1866653345
     -0.2370700588
     -0.3187253278
     -0.0935008212
      0.4780235471
     -0.0579327977
     -0.0049619079
     -0.1801513912
     -0.3865343135
     -0.2927317037
      0.1790664223
     -0.1510271130
      0.1080427937
      0.0891553323
     -0.2397597198
     -0.1559336794
      0.3178204463
      0.0492387124
      0.0890566606
     -0.3042518169
      0.2846563710
      0.2391107349
     -0.3013108861
     -0.0596593860
      0.2123636328
      0.1770069020
     -0.2573102852
     -0.0609384642
     -0.3386554478
      0.0104382891
     -0.0640877350
     -0.0749380408
      0.1479322387
      0.0050684567
      0.1905090118
     -0.2784585556
     -0.1416505996
      0.1839121993
      0.1912695627
      0.2550815504
      0.0121991687
     -0.1747625613
      0.2512941134
     -0.0564136030
      0.1804269533
     -0.0900505726
      0.2635273760
     -0.1809210823
      0.2423622589
     -0.2192519054
      0.0905414428
      0.0976181584
      0.1530063505
      0.1421704929
     -0.1796078985
      0.0320908286
      0.0691299904
      0.1049478460
     -0.0821654106
      0.0033423788
     -0.1566730137
     -0.0412795056
      0.2949956429
     -0.0900841921
      0.0391647683
     -0.1228437662
      0.0687972377
      0.1282980816
     -0.1870529036
      0.1553863540
      0.1057127661
      0.2009059309
     -0.1973191250
      0.0808449087
     -0.2495587703
      0.1005568240
     -0.1676003869
      0.0330307708
     -0.1608701468
     -0.0228981466
      0.2036678494
     -0.2652749752
     -0.1433771106
     -0.1667990421
      0.2006344278
     -0.0547685745
     -0.0169806800
     -0.0318079418
     -0.0583762442
     -0.0607960666
      0.2370407997
      0.1868384712
      0.2700032597
     -0.1044136443
     -0.0224256023
     -0.1013347603
     -0.0421398084
      0.2141972511
     -0.2870728139
     -0.0543176480
      0.0776981335
     -0.1714535963
      0.0068008380
     -0.0773128537
     -0.1120161246
     -0.2213946094
      0.2359527361
      0.2611059759
      0.2451139991
     -0.0458141347
      0.1899528288
      0.2521711440
      0.1770736004
      0.2369355710
     -0.0787252029
      0.1919461424
     -0.1359440585
      0.2826842031
      0.6903549903
      0.1425252180
     -0.0777169351
      0.0929360148
      0.5588412211
     -0.1244151767
      0.6782054267
      0.4935445431
     -1.1904290821
     -0.2992777786
      0.2498569017
     -0.0609332339
      0.1413703888
      0.1770454779
      0.2700428004
     -0.2648854140
      0.0588029400
      0.1836141247
     -0.1089810402
      0.2667724083
      0.0701090481
     -0.2684907756
      0.1558022258
      0.0996651946
     -0.0093125896
     -0.3379016828
      0.1006916533
     -0.0866522980
     -0.2431651207
     -0.0094754848
      0.7227164338
      0.1792281655
     -0.2455699937
      0.0655662108
     -0.0449679046
      0.0740250028
      0.1242581462
      0.2323947843
     -0.3360968873
      0.2350039042
      0.4212279492
      0.0484708201
     -0.0354836533
      0.1792378012
     -0.1308710908
     -0.2235289534
     -0.1967736426
     -0.2193526941
     -0.1343153911
     -0.3324445071
      0.0542390083
      0.2853346107
      0.2026417341
      0.0741781887
     -0.6135268676
     -0.5947283936
      0.7066370075
     -0.1850757604
      0.5736342766
     -0.1520945502
     -0.3141545015
     -0.2903950814
      0.3363967318
     -0.0427900830
      0.0296888999
     -0.1673964103
      0.2964374969
      0.1443472131
      0.2137922938
     -0.2620432606
     -0.1980988584
     -0.0400189397
      0.1047027457
     -0.1024265698
      0.1098397935
      0.0000379782
      0.2223371940
      0.0064624419
     -0.0403846159
      0.2559667617
      0.0389692632
     -0.2934083119
     -0.0956960731
     -0.0027909398
     -0.2698316734
      0.0161218927
     -0.0591826589
     -0.1186799133
      0.0166789237
     -0.0148745596
     -0.1173984751
      0.2268807555
      0.2866207641
      0.1315358130
      0.1441446291
      0.0407653975
     -0.3087081930
      0.4399011619
     -0.0839068152
      0.0691399150
      0.1005316457
     -0.1667906514
     -0.7451773089
     -0.2229940015
     -0.0906553857
      0.1174990597
     -0.1550610109
     -0.2849760785
      0.0216018542
     -0.0143759728
      0.0037686839
     -0.0865271771
      0.4170243132
      0.0375490319
      0.2834911297
      0.2826936604
      0.2159881578
      0.2432587334
      0.2104780316
     -0.2576074094
     -0.0301751489
     -0.0728372129
      0.3610939234
      0.1851436924
     -0.1413487293
     -0.2335337087
     -0.2926219998
     -0.0401688056
      0.2157763452
      0.1409612580
      0.0652877401
     -0.2126723599
     -0.0525879968
     -0.2317031397
      0.0907109615
     -0.1797774915
     -0.1566456638
     -0.2483295325
      0.0504140058
     -0.2408913941
      0.2128094446
     -0.1567994751
     -0.2941047412
     -0.0198821088
      0.1592959606
      0.0209183812
     -0.2950882234
      0.3087138404
     -0.0784820026
     -0.0951359817
     -0.0833393635
      0.0667578086
     -0.0649482017
      0.1275841932
     -0.2389710285
     -0.0549293351
      0.2016639471
      0.1154462296
     -0.0974045965
     -0.2579138482
      0.1780507757
     -0.2449106518
      0.0016418851
      0.3104470962
     -0.1846382656
     -0.2287491405
      0.1192788126
      0.2728278912
      0.1169279736
      0.1778396994
     -0.1994573164
      0.1687453495
     -0.1261509419
      0.2082987750
      0.0837490211
      0.0241092559
      0.0621766643
      0.2461459665
     -0.1469288493
      0.1253151508
      0.0360420613
      0.0235011035
      0.2229750075
      0.2539018479
     -0.1309047350
     -0.2782367946
      0.0088882745
      0.0609187817
      0.0829744288
      0.0829784651
      0.2330097622
      0.0156956922
      0.2429674136
     -0.2730485499
      0.2815360447
     -0.2819127517
      0.2256304786
      0.0192062731
     -0.0772444184
      0.2982063256
      0.0875623604
     -0.1130345901
      0.1911643590
     -0.0645379284
     -0.0889122672
      0.2252675366
      0.0750318413
     -0.2054875181
      0.0368134603
     -0.0492107571
      0.2784022944
     -0.1417037322
     -0.2508376239
     -0.2465915309
      0.0895282207
      0.0678381629
      0.0966749807
     -0.2017137881
     -0.3689138355
     -0.0899673968
     -0.2085547622
     -0.1351470997
      0.1081265704
     -0.0086195400
     -0.2779355867
     -0.1072754562
      0.1142411262
     -0.2787423189
     -0.1332643964
     -0.3244838266
      0.0559429776
     -0.0365748998
     -0.1952593031
     -0.1861958750
     -0.1137509168
      0.1189158153
     -0.2751976105
      0.0050150280
      0.1316594744
      0.2040379413
     -0.1858112769
      0.1132198115
      0.0098022052
     -0.0769966883
     -0.2869224664
      0.3118555039
     -0.3031117898
      0.2099867572
      0.1220197778
     -0.1129343076
      0.1331944319
     -0.0931167612
     -0.2525853286
     -0.2001474878
     -0.0224962319
     -0.3063908021
      0.0433032298
      0.1422043535
      0.2418175307
      0.2226422299
     -0.2623630451
     -0.1060765363
      0.2294818386
      0.1668136963
     -0.2336403479
      0.0255472637
      0.2201951907
      0.1506401337
     -0.0035202898
     -0.2742208784
      0.0719114154
     -0.4943455058
      0.4698261464
      0.2422677961
      0.1032468157
     -0.2094659460
     -0.3072338406
      0.2042760158
      0.0650621418
     -0.0355184266
      0.1472509290
      0.1223892931
     -0.2956559580
      0.1448462008
      0.2591151640
      0.0631242323
      0.2166355595
      0.0357313247
     -0.1898358206
      0.3794345069
      0.3174319268
      0.2820451890
      0.0983610332
      0.2993841316
     -0.3175622127
     -0.1278920317
     -0.0008428277
     -0.2283642494
     -0.1675937157
     -0.3340500869
     -0.1476169124
     -0.1207025924
     -0.4516681454
      0.1911215121
      0.0658359498
      0.2152956942
      0.1165999550
      0.1743665511
      0.2320994731
     -0.0042729819
     -0.1576333902
     -0.1687794518
     -0.0346914535
      0.0774143891
     -0.3833892724
     -0.2181537081
      0.0437527269
      0.1594710661
     -0.0896868632
     -0.3485000386
     -0.0630969140
      0.0896583293
      0.3014758212
      0.1076544185
     -0.2986684516
     -0.1590255272
      0.3083919119
     -0.3249865798
      0.1636004419
     -0.2697295331
      0.1247682790
     -0.2124829798
     -0.0214335389
      0.1875048923
     -0.0524100863
     -0.0221589010
     -0.1800256279
      0.0692507599
     -0.1035744623
     -0.1466991539
      0.1394001321
     -0.2171448807
     -0.0716536889
     -0.0530657790
     -0.2441129512
     -0.2702445517
      0.0678430180
     -0.2224211379
      0.0034835435
      0.0750657610
     -0.2660513985
      0.2631840835
      0.2027079784
      0.0532649498
     -0.2553250775
      0.2062792453
     -0.1331278987
     -0.1632660153
      0.0470920128
      0.0817820855
      0.2084099603
      0.1914938961
     -0.1182869181
      0.2802025543
      0.0853553884
      0.1730417620
      0.2047980687
     -0.1063611968
     -0.1351958798
     -0.0601979403
      0.3193492064
      0.2194582525
     -0.1163657815
      0.0984949994
      0.1145496083
      0.1933013663
     -0.2872051808
      0.2541806731
     -0.2458951312
      0.0695988169
     -0.0129117277
      0.1353190765
     -0.2486948391
     -0.0316470566
      0.2569557159
      0.2555054059
     -0.1421553974
     -0.0601402889
      0.1671913496
      0.0781877459
     -0.2441255810
      0.0336799102
     -0.0077589074
      0.1097710540
     -0.1487685575
     -0.2156507085
     -0.0088750667
      0.1211618281
     -0.2859824629
     -0.1948276759
     -0.0866993335
      0.1494884413
      0.2425807939
     -0.1354157982
      0.0470369112
      0.1077172628
      0.0392620218
     -0.2658695825
      0.1340371555
     -0.0265052870
      0.0502987474
      0.1798331448
      0.4691175269
     -0.1626753452
      0.5089462341
      0.2830518992
     -0.6171774325
     -0.3026280572
      0.0896417891
     -0.0111359688
      0.0423805562
     -0.0552158748
      0.0815405759
      0.2062105714
     -0.3061254378
      0.2715293566
     -0.0828456918
     -0.2181002662
     -0.0807832840
     -0.0143000067
     -0.2370419119
     -0.2853986620
     -0.2708400976
      0.1881675303
     -0.0010394995
     -0.2809198664
      0.0860094697
      0.2400554180
      0.5982854430
      0.1179433054
     -0.1511632187
     -0.0078508268
      0.0434136225
      0.1431592391
      0.1836197071
      0.2852821927
      0.1488668484
      0.1350565764
     -0.0816962602
     -0.1853560945
     -0.1245961834
      0.0486993450
      0.1904884498
     -0.3123941621
     -0.1902069294
     -0.1384464930
     -0.2775557089
      0.0858870223
     -0.0071793922
     -0.2050244635
      0.1664518320
     -0.1606260548
      0.0217639852
     -0.3197870529
      0.3807108128
      0.1425550359
      0.2274478712
      0.2106137737
     -0.2980993720
     -0.0025658259
      0.1221779120
     -0.0957283905
     -0.1944755867
      0.0615921672
     -0.0488072162
     -0.0576330854
     -0.2801754295
      0.3467571663
      0.1720923867
     -0.2325095722
      0.2321935569
      0.1937029353
     -0.2178821689
      0.2171664037
     -0.1556353587
      0.0085679249
     -0.4692949597
      0.1929341457
      0.0561861680
     -0.2015525153
      0.2867457567
     -0.0228671515
     -0.1883231839
     -0.2708307360
      0.1414896788
      0.2621651233
     -0.0501058855
     -0.2588176233
     -0.1082776642
      0.0113103994
     -0.1982162479
      0.1782852136
      0.2917674888
     -0.2765637248
     -0.2201252656
      0.0945812455
      0.1883476901
     -0.1036983986
     -0.2290956067
     -0.2420719054
     -0.3892925780
     -0.1321696830
     -0.1777863777
     -0.1823895048
      0.0578840918
      0.0473238023
     -0.0810625210
     -0.2486552349
     -0.1459456377
      0.2120999169
      0.2641468417
      0.1821780483
     -0.0265053171
     -0.0343500949
     -0.1461666618
     -0.0940514310
     -0.2841103123
     -0.2253057933
      1.5278788315
      1.6184499045
      1.1667852578
     -1.3118319944
      0.3513690491
      0.2772449782
     -0.0984153425
      0.0521715093
      0.2248049988
     -0.6962863444
     -0.5695710504
      0.1250180521
     -0.8773894759
     -0.0325265909
      0.6970460648
     -0.1525355604
     -0.6659631106
      0.0449787799
      0.0699661090
     -1.0455819464
     -1.0651066803
     -0.5467660721
     -0.7943038366
      0.2576828407
     -0.1330455304
      0.2136643208
     -0.6878026505
      0.7002115034
     -0.3843931870
      0.5229883866
      0.4757889231
     -0.0456133750
     -0.4510729584
     -0.8031761952
     -0.6787436406
     -0.3365623225
      0.0062784313
      0.2180958786
      0.1542285298
      0.0632030442
      0.1698795668
      0.3416852548
     -0.0665509697
     -0.1749034069
     -0.1421414133
      0.3971423236
      0.5864950322
     -0.6512505129
     -0.7989142790
     -0.0526260042
     -0.0836073654
     -0.1853844040
     -0.5995250499
      0.3221487763
      1.2896029897
     -0.1872081565
      0.4045254154
     -0.8410725293
      0.1120271073
      0.2613479403
      0.4811845808
      0.6801961436
      0.6487517019
      0.0604552458
      0.5250105715
      0.1831832841
      0.2296999286
     -0.0292776918
     -0.4427529153
      0.3034541942
      1.2660139574
     -0.4897411628
      0.1643701337
      0.1649118049
      0.5441237769
     -0.0436659104
      0.1585503093
     -0.5280068777
      0.3893222996
      0.3620619503
      0.3274144745
     -0.5656278099
      0.0199273534
     -0.1709621310
      0.1062732771
      0.1702935624
     -0.4430635563
      0.3122618875
     -0.0395758704
      0.1109931208
      0.1387938066
     -0.3078072371
      0.1345848290
     -0.6975014004
     -0.9961507237
      0.2037122573
     -0.3612821614
     -0.3031050393
      0.1806713841
     -0.0207678019
     -0.2805832835
     -0.3920831474
     -0.1266480024
      0.1482954446
     -0.2560451973
     -0.4344705273
     -0.4738486760
     -0.5013333442
      0.2548885690
     -0.0539556586
      0.4025032364
     -0.2956333323
     -0.2076147274
      0.0652187409
      0.3111819411
     -0.0276621594
     -0.5757411095
     -0.3085863975
     -0.7606813229
     -0.4717772009
     -0.1123697123
     -0.1580492772
      0.0703944529
      0.0516500682
     -0.3462396554
      0.9173395688
      0.8658854739
      0.4988437164
      0.3289475741
     -0.5506750134
     -0.5490790672
      0.8055575504
     -0.0542148911
      0.1288220985
      0.4409074344
      1.0939749624
     -0.8446991785
      0.3644292539
     -0.6597096882
     -0.1511127191
      0.4005375507
      0.6289778395
      0.3323674215
      0.0688119840
      0.3417867556
      0.0717232934
      0.5482328902
     -0.8948514624
     -0.3188661984
     -0.1824709580
      0.2216424263
      0.6763010627
      0.1401021307
     -0.1888726612
     -0.9613095845
      0.4252728058
     -0.2122010057
     -0.2230549101
      0.1014948828
      0.1657622706
      0.3242792277
     -0.2626483178
     -0.1187029739
     -0.3885612894
     -0.2525417826
      0.0152076833
     -0.2919011069
      0.4188908591
      0.5389426542
      0.4381972418
     -0.9115556736
      0.3219767721
      0.0434025537
     -0.3362149289
      0.3292104939
      0.3678431661
     -0.3205566515
     -0.1832295363
      0.3439520410
     -0.0701002617
      0.0216046998
      0.1782592015
     -0.4214898532
     -0.0024759243
      0.3215082671
      0.3232722438
     -0.4479875245
     -0.3637065354
     -0.8271265193
     -0.0866264685
      0.0100901923
     -0.6735802574
      0.1360174361
      0.9835365533
      0.9655676187
      0.1647097518
     -0.4120023803
     -0.0142525018
     -0.4496310286
      0.3396270155
     -0.6832994557
     -0.5218905887
      0.2443949691
      0.5593920617
      0.2544065424
     -0.8141695549
     -0.0813672029
     -0.7564107020
     -0.5340522685
     -0.1838993633
     -0.3528671906
      0.5523856603
     -0.0053790009
      0.5631268654
      0.9821547059
      0.0777015310
      0.3112425339
      0.5782745256
     -0.2917486229
      0.6685865301
     -0.1261014996
      0.5089883742
     -0.1650136556
     -0.0515367332
      0.5884795603
      0.5007949627
     -1.1597258510
      0.0329287237
     -0.9059924543
     -0.4447203481
      0.3975656027
     -0.8188622610
      0.6177199748
      0.2470446534
      0.3044765454
     -1.2551235373
      1.2005415425
      0.1188237083
      0.7702017708
      0.2541925226
     -0.3339388907
      0.4701457522
      0.1043271921
     -0.0288767354
     -0.0844044545
      0.1442603885
     -0.7972461098
      0.2758817050
     -0.2336014731
      0.1594233580
     -0.9353389251
     -0.3710942586
     -0.2968469859
      0.7731695322
      0.1537291822
      0.7888255927
      0.3375984975
     -0.2913043717
     -0.4088847690
      0.5993046144
     -1.3679710776
      0.3568839234
      0.2421736020
     -0.1394969252
      0.0031035821
      0.0431974571
      0.6809059798
     -0.4072273678
      0.5285020323
     -0.5681947826
     -0.1847380420
      0.5628937308
     -0.2132805236
      0.7780378605
      0.1112450056
     -0.0813113436
      0.4828578519
      0.0959136994
      0.4502072398
     -1.3004163514
     -0.1299319801
     -0.0809052639
     -0.5176674595
     -0.7756630004
      0.3362887986
      0.0979723581
      0.9556070862
      0.1722377688
     -0.2816512906
      0.3107238775
     -0.1015896727
      0.8338463542
     -1.2359084848
     -0.0198864719
      0.5368735186
     -0.0829519585
     -0.0093403976
     -0.4489590661
     -0.2659282501
      0.6687841387
     -0.5790885317
      0.3533461959
      0.1121073826
     -0.3183910212
      0.4622840214
      0.7057362897
     -0.3811741458
     -0.3004650824
      0.8338961441
      0.3022903370
     -0.4276346301
      0.2893698449
      0.4777353644
      0.5596377625
      0.3742834825
     -0.5450527547
      0.1613286371
     -0.2028874379
     -0.0263851809
      0.8489227033
      0.1749894188
      1.0747960165
     -0.3052544405
      0.1744804665
     -0.1359394877
     -0.1590179560
     -0.1987153451
      0.2474443418
      0.0739544856
     -0.1387426485
     -0.3340966792
      0.3384451924
     -0.3124574391
     -0.4222549676
      0.5834007393
     -0.0614337700
     -0.4500827339
      0.0370617977
     -0.0040053333
     -0.6915149731
      0.4435502331
      0.1591920587
      0.0670208054
     -0.1838853275
      0.0801457377
      0.3211583352
     -0.0569617004
     -0.7843495676
      0.7477805664
     -0.0810844453
      0.5615229247
     -0.4985688587
      0.3305477876
      0.2011403507
      0.0445049502
      0.0221259542
      0.1670073928
     -0.1977012013
      0.4184692757
     -0.7620035292
      0.1287153128
      0.4703416642
     -0.4254056742
     -0.3249940069
      0.1359674612
     -0.0006749634
      0.9889303518
      0.6946202219
      0.0730761400
      0.2016031088
      0.1214185317
      0.2560442168
      1.0681452649
     -0.2529092129
     -0.2670381885
      0.1908786535
     -0.4785144028
      0.3211103939
     -0.0469750555
     -0.2870798596
      0.4950987380
     -0.0933942987
      0.2973577522
      0.2457559150
      0.4790823812
      0.3225166968
     -0.2473216462
      0.2931221814
      0.5304368355
     -0.3533121029
     -0.3081491040
      0.2600640993
      0.3996816030
     -0.1246868719
      0.1495131348
      0.0985062820
     -1.0245774437
      0.2671730281
      0.1528702338
     -0.1440471638
     -0.2221316504
      0.4612413011
      0.0453409355
     -0.4183954017
      0.2204674343
      0.1240758915
      0.4817220122
     -0.4301871944
     -0.4170416622
      0.2899417431
     -0.1382959105
     -0.4716186608
      0.1594468992
     -0.2342848453
     -0.2094149043
     -0.5050489849
     -0.1331829705
      0.0213127275
     -0.3449485734
      0.3166096288
      1.0366286694
     -0.1719533334
      0.3326437726
      0.3351518093
     -0.0800834846
      0.3214626562
     -0.1961453412
      0.8273445481
     -0.3368504738
      0.6225642405
      0.4862770990
     -0.0200367041
     -0.2279091276
      0.2887555614
     -0.2570302746
     -0.1994971772
      0.2028384672
     -0.0710237308
     -0.8657593335
      0.3242473156
      0.9485796483
     -1.1512800425
      0.1709546551
     -0.0924025497
     -1.1449008206
      0.1781563589
     -0.5425451851
     -0.6621539581
      0.0711308491
     -0.1376923991
     -0.1261062370
      0.4666007957
      0.2002703937
     -0.2336353539
      0.5182700475
     -0.4482542648
      0.0745817310
     -0.8024286969
     -0.5524215881
     -0.2463465247
      0.0420616656
      0.6234366799
      0.1328017479
     -0.1631346493
     -0.4344860118
      0.4463979427
     -0.5158971505
      0.5412064759
      0.1475466299
     -0.2936963509
     -0.2901213255
     -0.0770297870
      0.3118360027
      0.4347259086
      0.2883055812
      0.1630154869
     -0.4289135986
     -0.0225295711
      0.4663600377
      0.6927998740
     -0.5949420827
      0.5397775338
     -0.5183955033
      0.2913672747
      0.4504510399
      0.5258357069
      0.4156558485
      0.0164614000
     -0.2376185368
      0.2839147454
      0.0666085498
     -0.4543585015
      0.3600025454
     -0.3492476113
     -0.5726550890
     -0.4403454142
      0.4432057419
      0.0519623463
     -0.2601306396
     -0.2667712883
      0.4939674987
     -0.0865112473
      0.2951575440
      0.3369230915
     -0.2100775277
     -0.1349881506
     -0.2176855319
     -0.5032552887
     -0.6189760192
     -0.1005890108
      0.3524936171
     -0.5472198070
     -0.4397393454
     -0.5670388623
      0.8937793989
     -0.1874631050
      0.7393681515
     -0.1464661540
     -0.3669235853
      0.4584585774
      0.2961600447
      0.2628628198
      0.3842582060
     -0.3112499509
     -0.6864881815
     -0.4522367989
     -0.4990112875
      0.3769100867
      0.0941046745
      0.4344501721
     -0.2673417658
     -0.3105431514
      0.1084332203
     -0.4023063477
      0.3638123288
     -0.1094300928
      0.2019468799
     -0.0574891273
      0.2231437888
     -0.5063210849
      0.1054883213
     -0.2205900350
     -0.3019678937
      0.2802275144
     -0.4093609723
      0.3111717329
     -0.5186690487
      0.1424025434
      0.2313663463
      0.4236002810
      0.5655144983
     -0.2579514172
      0.2063118968
      0.5068849958
      0.5561534558
     -0.8643202478
     -0.2236081451
     -0.1307459084
      0.3217096101
     -0.6095353096
     -0.7299581768
      0.1296520900
      0.3527998945
      0.4828462695
     -0.3373756159
      0.3503165521
     -0.5308034458
      0.4275994613
      0.5516168386
     -0.1287157172
     -0.1525405159
     -1.0916804170
     -0.6996718256
      0.2115999048
      0.3472948390
      0.2979217908
     -0.1169458197
     -0.0918853291
      0.0063661411
      0.4740749021
      0.0256884406
     -0.0393070810
     -0.0748679876
      0.2932197908
      0.3698256993
      0.5156358733
      0.5920733757
      0.5030241765
     -0.3035428939
      0.3405635257
     -0.4346163815
      0.5017611313
      0.1106534112
     -0.1301664924
     -0.3233962936
     -0.0264679635
     -0.7701966144
      0.6936429111
      0.4724545596
      0.4745895044
      0.8885009234
      1.2657922244
     -0.5149703287
     -0.2876604947
      1.4890388006
     -1.1100090901
     -0.8732239904
     -0.2421375195
      0.3426244030
      0.3509637221
     -1.2483588596
     -1.1881056676
     -0.6840126668
     -1.3014579939
      0.1113761424
      1.2675796433
      0.9407904887
      0.5461703298
      0.7566680903
     -0.9984443668
     -1.2461420976
     -0.1940420489
      0.4119617995
     -0.1076002288
      0.1430528603
     -0.2358597439
     -0.3294281126
      0.2484683322
     -0.0195381437
     -0.2914273566
      0.1331223015
      0.1242524453
      0.1635023183
     -0.1291603319
      0.0563039774
     -0.0445971058
     -0.2455677780
      0.0491992034
      0.0311021446
      0.2230776431
      0.0155526647
     -0.0062681574
     -0.1171577244
      0.2736912712
     -0.0948555698
      0.1325735169
     -0.1461015391
     -0.1268197024
