################################################################################
# Neural network connection values (weights and biases).
################################################################################
# Col  Name       Description
################################################################################
# 1    connection Neural network connection value.
# 2    t          Connection type (a = weight, b = bias).
# 3    index      Index enumerating weights.
# 4    l_s        Starting point layer (end point layer for biases).
# 5    n_s        Starting point neuron in starting layer (end point neuron for biases).
# 6    l_e        End point layer.
# 7    n_e        End point neuron in end layer.
################################################################################
#                      1 2         3     4     5     6     7
#             connection t     index   l_s   n_s   l_e   n_e
############################################################
  5.8974884231611240E+00 a         1     0     1     1     1
 -1.3878559403256827E-01 a         2     0     1     1     2
  6.6557574951813292E+00 a         3     0     1     1     3
  2.1421108498588719E+00 a         4     0     1     1     4
  1.5238434596398751E-01 a         5     0     1     1     5
  3.1808618924040570E+00 a         6     0     1     1     6
  1.1989663855506478E+00 a         7     0     1     1     7
  2.2530850725728686E+00 a         8     0     1     1     8
 -4.5104131696811658E+00 a         9     0     1     1     9
  8.7902422329536989E-01 a        10     0     1     1    10
  3.5873513573122673E-01 a        11     0     1     1    11
 -1.3324423200001629E+00 a        12     0     1     1    12
  1.1596993155328295E+00 a        13     0     1     1    13
  4.3708799710489163E+00 a        14     0     1     1    14
  2.2369164804284343E+00 a        15     0     1     1    15
 -1.0265909403526325E+00 a        16     0     1     1    16
  2.2098021084416672E-01 a        17     0     1     1    17
  1.9872878153696780E+00 a        18     0     1     1    18
  6.4017158502376308E+00 a        19     0     1     1    19
 -1.5748270783020881E+00 a        20     0     1     1    20
  1.6227404353814452E+00 a        21     0     1     1    21
  5.9264100505001265E+00 a        22     0     1     1    22
  2.0672399890921831E+00 a        23     0     1     1    23
 -1.5250356788604316E+00 a        24     0     1     1    24
 -7.8277974916340276E-01 a        25     0     2     1     1
 -1.9469210006424407E+00 a        26     0     2     1     2
  1.4964126063389205E+00 a        27     0     2     1     3
 -7.6732294661754319E-01 a        28     0     2     1     4
 -2.5483879320223721E+00 a        29     0     2     1     5
  4.0719096658351122E+00 a        30     0     2     1     6
 -1.9105575696847925E+00 a        31     0     2     1     7
  2.6988235526415618E+00 a        32     0     2     1     8
 -2.3378802034659901E-02 a        33     0     2     1     9
  2.5055881324514995E+00 a        34     0     2     1    10
 -2.9237713891894335E+00 a        35     0     2     1    11
  2.3001278485880117E+00 a        36     0     2     1    12
 -1.6948821904471274E+00 a        37     0     2     1    13
 -2.3624010611632396E+00 a        38     0     2     1    14
  3.8680714454908451E+00 a        39     0     2     1    15
 -2.5189892975652790E+00 a        40     0     2     1    16
  2.4884825241723294E+00 a        41     0     2     1    17
  2.1732900482403261E+00 a        42     0     2     1    18
  5.5680506517169750E+00 a        43     0     2     1    19
  6.9747422887312515E-03 a        44     0     2     1    20
  9.6001303747206002E-01 a        45     0     2     1    21
 -2.2469740500260640E+00 a        46     0     2     1    22
  2.9486228387383284E+00 a        47     0     2     1    23
  1.1121109048627738E+00 a        48     0     2     1    24
 -4.9245489579817842E-01 a        49     0     3     1     1
  2.7973561228768924E+00 a        50     0     3     1     2
  2.8218183220537805E+00 a        51     0     3     1     3
  4.4641676022191856E-01 a        52     0     3     1     4
  1.2342305364317241E+00 a        53     0     3     1     5
  2.9496291115082034E+00 a        54     0     3     1     6
  1.3863107586310524E+00 a        55     0     3     1     7
 -3.1371180496745947E+00 a        56     0     3     1     8
 -1.3648253798319894E+00 a        57     0     3     1     9
  6.5207314598158908E+00 a        58     0     3     1    10
 -2.2122348357858468E+00 a        59     0     3     1    11
 -3.0822202312283773E+00 a        60     0     3     1    12
  1.4876408150560492E+00 a        61     0     3     1    13
 -3.8140414832432326E+00 a        62     0     3     1    14
  1.8912688672342921E+00 a        63     0     3     1    15
 -6.3708630730614765E-02 a        64     0     3     1    16
  3.3760852182893442E+00 a        65     0     3     1    17
  4.6160917148742682E+00 a        66     0     3     1    18
  2.1155519241637064E+00 a        67     0     3     1    19
  2.5918430030878756E+00 a        68     0     3     1    20
  1.0513297354503157E+00 a        69     0     3     1    21
  5.3532917717968269E+00 a        70     0     3     1    22
  2.8969121223618854E-01 a        71     0     3     1    23
 -6.1139492422284814E-01 a        72     0     3     1    24
 -5.1463794668451177E+00 a        73     0     4     1     1
 -9.2091885951572638E-01 a        74     0     4     1     2
 -8.1520701330343943E+00 a        75     0     4     1     3
 -2.7796551546570143E+00 a        76     0     4     1     4
  3.4772245274114671E-01 a        77     0     4     1     5
 -3.3077529469746683E+00 a        78     0     4     1     6
 -1.9819395524565298E+00 a        79     0     4     1     7
  5.6056817456302710E-01 a        80     0     4     1     8
  3.9383000071259366E+00 a        81     0     4     1     9
  1.4695187170277395E+00 a        82     0     4     1    10
 -4.0162944884667517E-01 a        83     0     4     1    11
 -1.8318751083211180E+00 a        84     0     4     1    12
 -6.7091478230727830E-01 a        85     0     4     1    13
 -3.1207531857362207E+00 a        86     0     4     1    14
 -1.3982982045645345E+00 a        87     0     4     1    15
 -8.3691335490378926E-01 a        88     0     4     1    16
  1.3386469478059765E-01 a        89     0     4     1    17
 -6.9879189313911169E-02 a        90     0     4     1    18
 -5.4775280662643393E+00 a        91     0     4     1    19
  2.6195484576114358E+00 a        92     0     4     1    20
 -1.2746216349003481E+00 a        93     0     4     1    21
 -2.9654197839741037E+00 a        94     0     4     1    22
 -8.0841452929434232E-01 a        95     0     4     1    23
 -1.5038364895727663E+00 a        96     0     4     1    24
  3.1636523989085069E-01 a        97     0     5     1     1
  1.7699003467891203E+00 a        98     0     5     1     2
 -2.3669690545138602E+00 a        99     0     5     1     3
  5.4578608271273699E-01 a       100     0     5     1     4
  2.6610947504424067E+00 a       101     0     5     1     5
 -3.7109835457583014E+00 a       102     0     5     1     6
  1.5262457417735289E+00 a       103     0     5     1     7
 -3.6438142678553813E+00 a       104     0     5     1     8
 -8.2508882253973703E-01 a       105     0     5     1     9
 -1.4639394010632236E+00 a       106     0     5     1    10
  4.8252269546544019E-01 a       107     0     5     1    11
 -7.6883867888333191E-01 a       108     0     5     1    12
  1.6706580137063141E+00 a       109     0     5     1    13
  3.2062562850399559E-02 a       110     0     5     1    14
 -3.0753583206539865E+00 a       111     0     5     1    15
  1.0553785863569840E+00 a       112     0     5     1    16
 -2.8875587504339735E+00 a       113     0     5     1    17
 -3.3858519716265096E+00 a       114     0     5     1    18
 -3.2436515595668189E+00 a       115     0     5     1    19
  6.5602499164951045E-01 a       116     0     5     1    20
 -6.7818447620759603E-01 a       117     0     5     1    21
  2.5901172608214056E+00 a       118     0     5     1    22
 -2.7248900527216176E+00 a       119     0     5     1    23
 -2.4034645521546660E+00 a       120     0     5     1    24
  8.9233693391268754E-01 a       121     0     6     1     1
 -1.6176548408990916E-02 a       122     0     6     1     2
  1.0455118244914150E+00 a       123     0     6     1     3
  7.1759357661338519E-01 a       124     0     6     1     4
 -1.1298789277438053E+00 a       125     0     6     1     5
 -3.4847321872281511E-01 a       126     0     6     1     6
  6.1965930900569133E-01 a       127     0     6     1     7
 -1.5434682010859107E+00 a       128     0     6     1     8
 -1.3827543019654267E+00 a       129     0     6     1     9
 -2.0774903580599080E+00 a       130     0     6     1    10
  1.9391600895413283E-01 a       131     0     6     1    11
  2.0328402361758968E+00 a       132     0     6     1    12
  8.0407566074674770E-03 a       133     0     6     1    13
  2.2432910417385274E-01 a       134     0     6     1    14
 -7.3475123407715814E-01 a       135     0     6     1    15
  1.2234280863747553E-01 a       136     0     6     1    16
 -5.2152203349852277E-01 a       137     0     6     1    17
 -1.5297492195867379E+00 a       138     0     6     1    18
  2.5070412038903784E+00 a       139     0     6     1    19
 -1.0446149712736525E+00 a       140     0     6     1    20
  6.6603461053842161E-01 a       141     0     6     1    21
 -9.1372355232001856E-01 a       142     0     6     1    22
 -2.2616448231348459E-02 a       143     0     6     1    23
  9.9859098115262546E-01 a       144     0     6     1    24
  3.7133733501865146E-01 a       145     0     7     1     1
 -1.6698194556306813E+00 a       146     0     7     1     2
 -3.1662407152781511E+00 a       147     0     7     1     3
 -3.5909703864281128E-01 a       148     0     7     1     4
 -3.2320634127117026E-01 a       149     0     7     1     5
 -5.4986391650301647E-01 a       150     0     7     1     6
 -1.9760223348305872E+00 a       151     0     7     1     7
  1.6758367595132713E+00 a       152     0     7     1     8
  1.5158466564663240E+00 a       153     0     7     1     9
 -3.1230683652611497E+00 a       154     0     7     1    10
 -2.8875271805737922E-02 a       155     0     7     1    11
  1.0347193157960299E+00 a       156     0     7     1    12
 -1.3771553714096958E+00 a       157     0     7     1    13
  8.4162868329431373E-02 a       158     0     7     1    14
 -1.9800620304702377E+00 a       159     0     7     1    15
 -6.6197214837442653E-01 a       160     0     7     1    16
 -3.7434788730151414E-01 a       161     0     7     1    17
 -3.5332404356426039E+00 a       162     0     7     1    18
  2.6400418156335265E-01 a       163     0     7     1    19
 -1.7438352730076312E+00 a       164     0     7     1    20
 -9.3521661048812066E-01 a       165     0     7     1    21
 -4.1736223515943136E+00 a       166     0     7     1    22
 -1.0080249904316219E+00 a       167     0     7     1    23
  1.4520570506794259E+00 a       168     0     7     1    24
  1.2963544938465421E-01 a       169     0     8     1     1
 -7.6617429022024175E-02 a       170     0     8     1     2
  1.9104394553368842E+00 a       171     0     8     1     3
 -5.6546368084334320E-01 a       172     0     8     1     4
 -3.0707354824942872E+00 a       173     0     8     1     5
  8.7367799204950913E-01 a       174     0     8     1     6
 -1.9116994635947175E+00 a       175     0     8     1     7
  1.7314875088471635E+00 a       176     0     8     1     8
  1.9631504804245425E+00 a       177     0     8     1     9
 -5.6915443309289881E-01 a       178     0     8     1    10
 -1.7007965927023327E+00 a       179     0     8     1    11
  1.6129941309123623E+00 a       180     0     8     1    12
 -1.0835546231055249E+00 a       181     0     8     1    13
 -9.7838302755989939E-02 a       182     0     8     1    14
  2.6273812441848192E+00 a       183     0     8     1    15
 -1.4349715076988316E+00 a       184     0     8     1    16
  2.4134326814052085E+00 a       185     0     8     1    17
  1.8959391324701946E-01 a       186     0     8     1    18
  1.2711261084455479E+00 a       187     0     8     1    19
  6.2211584010292498E-01 a       188     0     8     1    20
 -1.4951177052866180E-01 a       189     0     8     1    21
 -6.6289809740270178E-01 a       190     0     8     1    22
 -5.8023356222269917E-01 a       191     0     8     1    23
  2.3250876856294824E+00 a       192     0     8     1    24
 -2.0321908883568094E+00 a       193     0     9     1     1
  2.3810414954716177E+00 a       194     0     9     1     2
 -5.2365865991955207E-01 a       195     0     9     1     3
 -1.3138400294286883E+00 a       196     0     9     1     4
 -8.8214612606856491E-01 a       197     0     9     1     5
 -1.1364419994260671E+00 a       198     0     9     1     6
  4.6861984029851254E+00 a       199     0     9     1     7
 -1.5371082022007361E+00 a       200     0     9     1     8
  1.9636338813085188E+00 a       201     0     9     1     9
 -4.3867889964700693E+00 a       202     0     9     1    10
 -3.2467748414749695E+00 a       203     0     9     1    11
 -1.2643636081845941E+00 a       204     0     9     1    12
 -4.7502069551678588E-01 a       205     0     9     1    13
  9.6685920941581927E-01 a       206     0     9     1    14
  3.5278792247708735E-01 a       207     0     9     1    15
  3.2298850729822148E+00 a       208     0     9     1    16
 -1.0218091024233341E-02 a       209     0     9     1    17
 -2.4924672521490931E+00 a       210     0     9     1    18
 -5.1322292284849533E+00 a       211     0     9     1    19
 -2.5184776584415087E+00 a       212     0     9     1    20
 -2.5590591657457638E+00 a       213     0     9     1    21
 -4.8938062888809508E+00 a       214     0     9     1    22
  2.3768691253320755E+00 a       215     0     9     1    23
  3.2785980151428986E+00 a       216     0     9     1    24
 -1.4972004504733292E+00 a       217     0    10     1     1
  5.2297755626515841E+00 a       218     0    10     1     2
 -1.7818333446618675E+00 a       219     0    10     1     3
  1.5136753005377315E+00 a       220     0    10     1     4
  1.5888271859795724E+00 a       221     0    10     1     5
 -2.3790386623892115E+00 a       222     0    10     1     6
  1.1730888838379395E+01 a       223     0    10     1     7
  3.2252204460076013E+00 a       224     0    10     1     8
  1.8025321424481602E-01 a       225     0    10     1     9
 -4.3033888473405007E-04 a       226     0    10     1    10
  3.3430758941507825E+00 a       227     0    10     1    11
 -4.8595261675386796E+00 a       228     0    10     1    12
  6.6545487713581852E-01 a       229     0    10     1    13
  3.2329906846445122E+00 a       230     0    10     1    14
 -5.2185273253845192E+00 a       231     0    10     1    15
  2.2134707075244373E+00 a       232     0    10     1    16
  1.9618979384921142E+00 a       233     0    10     1    17
 -1.4357249642518646E+00 a       234     0    10     1    18
 -1.0855921429525905E+01 a       235     0    10     1    19
 -7.4467275615139688E+00 a       236     0    10     1    20
 -1.2692391203967277E+00 a       237     0    10     1    21
  3.6246550755287430E+00 a       238     0    10     1    22
  1.9972340160206641E+00 a       239     0    10     1    23
  1.3100063160004931E+00 a       240     0    10     1    24
 -8.2624325287881661E-01 a       241     0    11     1     1
  3.4286775066022193E+00 a       242     0    11     1     2
 -9.1306707822610800E-01 a       243     0    11     1     3
 -3.1462167472936491E+00 a       244     0    11     1     4
 -7.3193806085138946E-01 a       245     0    11     1     5
  2.2144117567488126E+00 a       246     0    11     1     6
  6.2571893042671132E+00 a       247     0    11     1     7
  7.1736247624315839E+00 a       248     0    11     1     8
 -5.4403898046261494E+00 a       249     0    11     1     9
 -7.2412656109214018E+00 a       250     0    11     1    10
 -8.4070955807213945E+00 a       251     0    11     1    11
  2.5376733546046339E+00 a       252     0    11     1    12
  4.9832035194508526E+00 a       253     0    11     1    13
  8.9449231302583065E+00 a       254     0    11     1    14
  2.5599239482871128E-01 a       255     0    11     1    15
  4.6041288938642042E+00 a       256     0    11     1    16
  1.9349166093733086E+00 a       257     0    11     1    17
 -3.9384476427829003E+00 a       258     0    11     1    18
 -1.0260848097650286E+00 a       259     0    11     1    19
 -6.2795736435994831E+00 a       260     0    11     1    20
 -1.5937274405517610E-01 a       261     0    11     1    21
 -4.4455999623742448E+00 a       262     0    11     1    22
  8.5548121691114130E+00 a       263     0    11     1    23
 -2.1436745185496608E+00 a       264     0    11     1    24
 -3.2025574738838118E+00 a       265     0    12     1     1
 -1.5109279395450102E+01 a       266     0    12     1     2
  7.7674259420163621E+00 a       267     0    12     1     3
  1.7750858620137027E+00 a       268     0    12     1     4
  7.0892302547405448E+00 a       269     0    12     1     5
 -7.0652585715723148E+00 a       270     0    12     1     6
 -9.7611572625905509E+00 a       271     0    12     1     7
  1.4832641355234892E+00 a       272     0    12     1     8
 -7.1118839880513862E-01 a       273     0    12     1     9
 -8.7349904169968902E+00 a       274     0    12     1    10
 -7.0457405872665140E+00 a       275     0    12     1    11
 -1.0854521420263965E+00 a       276     0    12     1    12
 -8.1204351937560588E+00 a       277     0    12     1    13
 -5.5829640411427484E-01 a       278     0    12     1    14
 -9.4509665197373565E+00 a       279     0    12     1    15
 -9.6608232712766977E+00 a       280     0    12     1    16
 -2.0107462953729435E-01 a       281     0    12     1    17
  2.5746259567765963E+00 a       282     0    12     1    18
  2.4117259679529814E+00 a       283     0    12     1    19
 -3.8973567920293508E+00 a       284     0    12     1    20
  9.7208925870433238E-01 a       285     0    12     1    21
  6.0966704269866954E+00 a       286     0    12     1    22
 -6.0757366561698962E+00 a       287     0    12     1    23
  7.7002183783360350E+00 a       288     0    12     1    24
  3.5184853016776954E+00 a       289     0    13     1     1
  1.4913171199581787E+00 a       290     0    13     1     2
  1.7843273922493208E-01 a       291     0    13     1     3
 -1.8323337363534726E+00 a       292     0    13     1     4
  2.5186075458848629E+00 a       293     0    13     1     5
  4.0122016819700752E+00 a       294     0    13     1     6
  3.5668730426901436E+00 a       295     0    13     1     7
  5.9298508052183818E+00 a       296     0    13     1     8
 -4.0654530058681573E+00 a       297     0    13     1     9
 -1.2690361908536347E+00 a       298     0    13     1    10
  6.6306103932192495E-01 a       299     0    13     1    11
  4.9199730352475785E-01 a       300     0    13     1    12
 -5.1116136095703295E+00 a       301     0    13     1    13
 -8.4995668366051735E-01 a       302     0    13     1    14
  1.1304652253728815E+00 a       303     0    13     1    15
  9.1063138469427918E-01 a       304     0    13     1    16
 -1.5340387057103637E+00 a       305     0    13     1    17
  4.2204403565283846E+00 a       306     0    13     1    18
 -1.4880780171312860E+00 a       307     0    13     1    19
 -1.0298707190749716E+00 a       308     0    13     1    20
 -2.3096913680295225E-01 a       309     0    13     1    21
 -1.9422378174917926E-01 a       310     0    13     1    22
  5.8881885428408109E+00 a       311     0    13     1    23
  9.8994168888267009E-02 a       312     0    13     1    24
 -1.0211834788076908E+00 a       313     0    14     1     1
  1.1375216593614956E+00 a       314     0    14     1     2
 -1.0293698924786428E-01 a       315     0    14     1     3
  2.6613964558635304E+00 a       316     0    14     1     4
 -3.1930723435061936E+00 a       317     0    14     1     5
  3.6026280900072361E+00 a       318     0    14     1     6
  2.5237925735676696E+00 a       319     0    14     1     7
  1.6553000502082242E+00 a       320     0    14     1     8
  3.2691441231919329E+00 a       321     0    14     1     9
  5.0905842666136358E+00 a       322     0    14     1    10
 -2.1765019450880696E+00 a       323     0    14     1    11
  5.4540941021250724E+00 a       324     0    14     1    12
 -3.0438783861528100E+00 a       325     0    14     1    13
 -4.8117712000515862E+00 a       326     0    14     1    14
  5.9792431895203997E+00 a       327     0    14     1    15
 -1.4343484949085927E+00 a       328     0    14     1    16
  2.3591846558915015E+00 a       329     0    14     1    17
  4.8565550101903421E+00 a       330     0    14     1    18
  5.8111793362626880E+00 a       331     0    14     1    19
  4.1744506968182071E-01 a       332     0    14     1    20
 -2.5252461986491553E-01 a       333     0    14     1    21
 -7.1058295383434746E+00 a       334     0    14     1    22
  1.2781804330618463E+00 a       335     0    14     1    23
 -4.9427653157813580E+00 a       336     0    14     1    24
 -6.9427781113512781E+00 a       337     0    15     1     1
 -1.0653452182193330E+01 a       338     0    15     1     2
  2.7182280713933946E+00 a       339     0    15     1     3
  1.8695586963757296E-02 a       340     0    15     1     4
  5.6631753177749786E+00 a       341     0    15     1     5
 -4.3897141366331747E+00 a       342     0    15     1     6
 -1.6534239941424310E+01 a       343     0    15     1     7
 -2.6199192136954870E+00 a       344     0    15     1     8
  8.6336814973211484E-01 a       345     0    15     1     9
 -5.3571654184212258E-01 a       346     0    15     1    10
 -1.0949414333831728E+01 a       347     0    15     1    11
  4.6800390512776708E+00 a       348     0    15     1    12
 -1.5808358688484101E+00 a       349     0    15     1    13
  6.0550456856921455E+00 a       350     0    15     1    14
 -2.2622830254773860E+00 a       351     0    15     1    15
 -1.1890525660267729E+01 a       352     0    15     1    16
 -4.9267679480124373E+00 a       353     0    15     1    17
  1.9737039791454931E+00 a       354     0    15     1    18
  2.6594736947485256E+00 a       355     0    15     1    19
  4.4985890904726897E+00 a       356     0    15     1    20
 -3.0495610020541536E-01 a       357     0    15     1    21
 -1.7441225791375738E+00 a       358     0    15     1    22
 -1.2099757661817081E+01 a       359     0    15     1    23
  2.3521197295980958E+01 a       360     0    15     1    24
 -9.9743643043072394E-01 a       361     0    16     1     1
 -7.2235117238511604E-01 a       362     0    16     1     2
 -1.4262282354452398E+00 a       363     0    16     1     3
 -3.9437845366701990E-01 a       364     0    16     1     4
 -7.4814760255440105E-01 a       365     0    16     1     5
 -4.3411859346049048E-01 a       366     0    16     1     6
  7.1294042104685695E-01 a       367     0    16     1     7
 -2.5943948537833872E-01 a       368     0    16     1     8
 -4.3819641273810911E-01 a       369     0    16     1     9
  1.0828277600049120E-01 a       370     0    16     1    10
 -1.7474734413833486E+00 a       371     0    16     1    11
 -2.8203844116540522E-01 a       372     0    16     1    12
 -7.7192714942786766E-01 a       373     0    16     1    13
 -1.9810693660299652E+00 a       374     0    16     1    14
  7.3866311611042401E-01 a       375     0    16     1    15
 -1.3701833229415417E+00 a       376     0    16     1    16
  5.0146579210977349E-01 a       377     0    16     1    17
 -7.5730184602580974E-01 a       378     0    16     1    18
  1.5186355189995611E+00 a       379     0    16     1    19
 -9.5964700198525099E-02 a       380     0    16     1    20
 -1.6204649821317429E-01 a       381     0    16     1    21
  6.1909086037508299E-01 a       382     0    16     1    22
  1.8477076099709453E+00 a       383     0    16     1    23
 -1.6198328028656253E+00 a       384     0    16     1    24
  2.1647036040776162E+00 a       385     0    17     1     1
  4.0358949708974445E-01 a       386     0    17     1     2
 -1.2559141638705695E+00 a       387     0    17     1     3
  1.2632984340489979E+00 a       388     0    17     1     4
 -1.3805993573870003E+00 a       389     0    17     1     5
 -1.0347049390669256E+00 a       390     0    17     1     6
  1.0365378104881029E+00 a       391     0    17     1     7
 -5.4702310253161102E-01 a       392     0    17     1     8
  1.3954495591059166E+00 a       393     0    17     1     9
  4.0548555890061850E+00 a       394     0    17     1    10
 -2.7794724829796547E+00 a       395     0    17     1    11
  2.0031590037959055E+00 a       396     0    17     1    12
  1.3606892583819228E+00 a       397     0    17     1    13
 -2.3469807562317819E+00 a       398     0    17     1    14
  6.9643382361937056E-01 a       399     0    17     1    15
 -2.0388268396424283E+00 a       400     0    17     1    16
  2.4881497910122596E+00 a       401     0    17     1    17
  9.0987192154495494E-02 a       402     0    17     1    18
  2.5479168837423773E+00 a       403     0    17     1    19
  1.8790988784342055E+00 a       404     0    17     1    20
 -4.6178106940396185E-01 a       405     0    17     1    21
 -1.7909496679875554E+00 a       406     0    17     1    22
  2.2531488392509758E+00 a       407     0    17     1    23
 -2.1869528103470026E+00 a       408     0    17     1    24
 -1.0979953423465991E+00 a       409     0    18     1     1
 -1.4782204421968964E-01 a       410     0    18     1     2
  1.1042021994461417E+00 a       411     0    18     1     3
 -1.1094355045423920E+00 a       412     0    18     1     4
  3.4900355516216308E+00 a       413     0    18     1     5
  3.1066710908912660E+00 a       414     0    18     1     6
  7.5782125863686745E-01 a       415     0    18     1     7
  2.0230603568002392E-01 a       416     0    18     1     8
 -6.4816135431481514E-01 a       417     0    18     1     9
  2.7626847086270154E+00 a       418     0    18     1    10
 -3.8072274903360332E+00 a       419     0    18     1    11
  1.2741089395550753E+00 a       420     0    18     1    12
 -7.4105353124018680E-01 a       421     0    18     1    13
 -3.7428423170691603E+00 a       422     0    18     1    14
 -6.6175478492515072E-01 a       423     0    18     1    15
 -3.2303627457516981E+00 a       424     0    18     1    16
  2.1906389970774511E+00 a       425     0    18     1    17
 -4.1863248990055615E+00 a       426     0    18     1    18
  6.3289038584556163E+00 a       427     0    18     1    19
  1.9041192393064372E+00 a       428     0    18     1    20
 -2.0679136073206510E+00 a       429     0    18     1    21
  1.8010091654394123E+00 a       430     0    18     1    22
 -2.1503299990561850E+00 a       431     0    18     1    23
  1.0225940449608917E+00 a       432     0    18     1    24
 -2.8726612811875102E-01 a       433     0    19     1     1
 -4.0392549809970593E+00 a       434     0    19     1     2
  2.3098587977590932E+00 a       435     0    19     1     3
  2.3091758586024400E+00 a       436     0    19     1     4
  9.0132273754559789E-01 a       437     0    19     1     5
 -1.8792262635336703E+00 a       438     0    19     1     6
 -4.8155594280434926E+00 a       439     0    19     1     7
 -5.8677670094641927E+00 a       440     0    19     1     8
  3.0996717675952614E+00 a       441     0    19     1     9
 -2.6688205126861955E+00 a       442     0    19     1    10
  5.8642516566568368E+00 a       443     0    19     1    11
 -1.1307667117452904E+00 a       444     0    19     1    12
 -1.5359565424041353E+00 a       445     0    19     1    13
 -2.7160283316796026E+00 a       446     0    19     1    14
  2.0221273877067936E+00 a       447     0    19     1    15
 -3.8614151800707361E+00 a       448     0    19     1    16
 -1.4064658707773599E+00 a       449     0    19     1    17
 -1.7021399560177488E+00 a       450     0    19     1    18
 -1.5977079844636550E+00 a       451     0    19     1    19
  4.2017706070639598E+00 a       452     0    19     1    20
  3.0278107765360311E+00 a       453     0    19     1    21
  1.9657427253807787E+00 a       454     0    19     1    22
 -4.6017622356811776E+00 a       455     0    19     1    23
  2.2697861246065623E+00 a       456     0    19     1    24
 -1.8962638551224849E+00 a       457     0    20     1     1
 -5.5974756410237552E+00 a       458     0    20     1     2
  5.5268121172588964E+00 a       459     0    20     1     3
 -3.5285757472959078E+00 a       460     0    20     1     4
  4.5937322697805012E+00 a       461     0    20     1     5
 -6.0032133118075164E+00 a       462     0    20     1     6
 -2.0746316380162018E+01 a       463     0    20     1     7
 -1.5886440310996457E+01 a       464     0    20     1     8
 -2.1486767270480858E+00 a       465     0    20     1     9
 -7.1685660150790254E+00 a       466     0    20     1    10
 -4.4200299633775399E+00 a       467     0    20     1    11
 -4.1082430745538101E+00 a       468     0    20     1    12
  1.0179154979569923E+01 a       469     0    20     1    13
  2.6270391647676741E+00 a       470     0    20     1    14
  1.7312406570207586E+00 a       471     0    20     1    15
  9.6143576741229442E-01 a       472     0    20     1    16
 -7.5484170818516478E+00 a       473     0    20     1    17
 -1.6091090869132489E+00 a       474     0    20     1    18
  3.4078975892376834E-01 a       475     0    20     1    19
  1.6832113047355538E+01 a       476     0    20     1    20
  3.5537217553769938E+00 a       477     0    20     1    21
  6.6812303696948101E+00 a       478     0    20     1    22
 -5.9069614664518593E+00 a       479     0    20     1    23
  7.9781486405910389E+00 a       480     0    20     1    24
 -2.8645086533080830E+00 a       481     0    21     1     1
 -1.8110446215346027E+01 a       482     0    21     1     2
  9.3034233585566439E-01 a       483     0    21     1     3
  2.6844947246501167E+00 a       484     0    21     1     4
  3.2786612965150135E+00 a       485     0    21     1     5
 -1.3117991700939491E+01 a       486     0    21     1     6
 -1.8342115224350003E+01 a       487     0    21     1     7
 -6.7179070066140714E+00 a       488     0    21     1     8
  5.4892860792068410E+00 a       489     0    21     1     9
 -1.4067657474516968E+00 a       490     0    21     1    10
  1.9736067079707848E+01 a       491     0    21     1    11
  4.8905533204844989E-02 a       492     0    21     1    12
 -8.6375796954294799E+00 a       493     0    21     1    13
 -6.7980161518166327E+00 a       494     0    21     1    14
  2.4196438039171975E-01 a       495     0    21     1    15
 -1.4741769146401252E+01 a       496     0    21     1    16
 -7.1308986620387858E+00 a       497     0    21     1    17
 -1.4638322547743112E+00 a       498     0    21     1    18
 -1.2605078975695494E+00 a       499     0    21     1    19
  1.7742642811909860E+01 a       500     0    21     1    20
  3.8298745573507529E+00 a       501     0    21     1    21
  7.6688729511022080E+00 a       502     0    21     1    22
 -1.8947890930869509E+01 a       503     0    21     1    23
  1.8471548502167309E+01 a       504     0    21     1    24
 -9.3438907363090862E-01 a       505     0    22     1     1
 -1.5529942572654500E+00 a       506     0    22     1     2
  1.4506297740302012E+00 a       507     0    22     1     3
 -5.1465061488718744E-01 a       508     0    22     1     4
 -1.9206160576010305E+00 a       509     0    22     1     5
  2.6258448485080814E+00 a       510     0    22     1     6
 -1.2125291662645967E+00 a       511     0    22     1     7
  1.1646513109852105E-01 a       512     0    22     1     8
  1.0062016184944320E+00 a       513     0    22     1     9
  3.6078799127492961E-01 a       514     0    22     1    10
 -8.1580384286204888E-01 a       515     0    22     1    11
 -2.0080848357865726E+00 a       516     0    22     1    12
  6.7800483098432160E-02 a       517     0    22     1    13
  3.7891960623162002E+00 a       518     0    22     1    14
 -3.3115980273199003E-01 a       519     0    22     1    15
  9.6952943727171248E-01 a       520     0    22     1    16
 -9.2095750258557274E-01 a       521     0    22     1    17
 -9.1278016117697869E-01 a       522     0    22     1    18
  2.2670418018862840E-02 a       523     0    22     1    19
 -3.1461093076591133E+00 a       524     0    22     1    20
 -9.1890548520683502E-01 a       525     0    22     1    21
 -6.1727928489306008E+00 a       526     0    22     1    22
 -3.0085037028855952E+00 a       527     0    22     1    23
 -1.0752393225152346E+00 a       528     0    22     1    24
  5.2047872894252167E+00 a       529     0    23     1     1
  1.6170536748222712E+01 a       530     0    23     1     2
 -8.7678745836865453E+00 a       531     0    23     1     3
 -3.3978230820091091E+00 a       532     0    23     1     4
 -8.8956623733637787E+00 a       533     0    23     1     5
  1.1568739802950898E+01 a       534     0    23     1     6
  1.5273246959599545E+01 a       535     0    23     1     7
  3.5331491551014449E+00 a       536     0    23     1     8
 -1.4607391587153360E+00 a       537     0    23     1     9
  7.4065356837259069E+00 a       538     0    23     1    10
  1.3076445827364831E+01 a       539     0    23     1    11
 -2.5410212179339005E+00 a       540     0    23     1    12
  2.0094341029709413E+00 a       541     0    23     1    13
  4.8664302333769021E+00 a       542     0    23     1    14
  5.4940239481849762E+00 a       543     0    23     1    15
  1.0646054830012959E+01 a       544     0    23     1    16
  5.5739529300650359E-01 a       545     0    23     1    17
 -4.7241984282817624E+00 a       546     0    23     1    18
 -5.6139682903821724E+00 a       547     0    23     1    19
 -5.7702071956462557E+00 a       548     0    23     1    20
 -2.1421704174025398E+00 a       549     0    23     1    21
 -7.6118701325437925E+00 a       550     0    23     1    22
  7.0360266333577224E+00 a       551     0    23     1    23
 -9.5127768736148166E+00 a       552     0    23     1    24
  4.9972060160520737E+00 a       553     0    24     1     1
  1.1342389471942413E+01 a       554     0    24     1     2
 -7.5121142718438713E-02 a       555     0    24     1     3
  2.8494613646014031E+00 a       556     0    24     1     4
 -7.7067641478330007E+00 a       557     0    24     1     5
  7.9264958740037192E+00 a       558     0    24     1     6
  1.1861187739197680E+01 a       559     0    24     1     7
  3.6059047614714768E+00 a       560     0    24     1     8
 -2.5846416494703850E+00 a       561     0    24     1     9
 -2.3608597786848780E+00 a       562     0    24     1    10
 -3.1276686817651771E+00 a       563     0    24     1    11
 -3.1980905914595867E+00 a       564     0    24     1    12
  4.4176462212645582E+00 a       565     0    24     1    13
  2.9385585826068934E+00 a       566     0    24     1    14
 -1.0544161270208778E-01 a       567     0    24     1    15
  9.3090294191520826E+00 a       568     0    24     1    16
  1.6615967459086050E+00 a       569     0    24     1    17
  1.8807205276290295E+00 a       570     0    24     1    18
 -5.8666517678717263E+00 a       571     0    24     1    19
 -1.1004096920124722E+01 a       572     0    24     1    20
 -2.1272984984683170E+00 a       573     0    24     1    21
 -4.5542229414462909E+00 a       574     0    24     1    22
  1.4853474745232347E+01 a       575     0    24     1    23
 -1.5292876834648313E+01 a       576     0    24     1    24
 -3.9751573293055489E+00 a       577     0    25     1     1
  1.3360819654514542E+00 a       578     0    25     1     2
 -1.8370092286988378E+00 a       579     0    25     1     3
  1.3209686968189693E+00 a       580     0    25     1     4
 -1.5970418800693587E+00 a       581     0    25     1     5
 -8.1873644727136152E-01 a       582     0    25     1     6
  9.4508167552697808E-01 a       583     0    25     1     7
  4.6799760778537425E-01 a       584     0    25     1     8
 -5.4932130447689864E-01 a       585     0    25     1     9
 -2.0168087852671150E+00 a       586     0    25     1    10
  1.5096502195762421E-01 a       587     0    25     1    11
  1.0109502397860377E-01 a       588     0    25     1    12
 -2.6923895101099216E-01 a       589     0    25     1    13
 -1.2118279899962756E-01 a       590     0    25     1    14
 -1.9026538443035257E+00 a       591     0    25     1    15
  1.1380948322890279E+00 a       592     0    25     1    16
 -1.1561530148230768E+00 a       593     0    25     1    17
 -4.5929276347351922E-01 a       594     0    25     1    18
 -1.4759874678520346E+00 a       595     0    25     1    19
 -8.1943684596454280E-01 a       596     0    25     1    20
 -1.2568232690473564E+00 a       597     0    25     1    21
  1.9105442762620042E+00 a       598     0    25     1    22
  1.4736004530184890E+00 a       599     0    25     1    23
 -1.0059771354586616E-01 a       600     0    25     1    24
  9.8995440527485801E-01 a       601     0    26     1     1
  2.0077707306688359E+00 a       602     0    26     1     2
 -1.1470629125907179E+00 a       603     0    26     1     3
  3.0632799688297996E+00 a       604     0    26     1     4
 -1.5054234780872298E+00 a       605     0    26     1     5
 -1.4258250763851654E+00 a       606     0    26     1     6
  2.2213632087609589E+00 a       607     0    26     1     7
 -1.1328480983677163E+00 a       608     0    26     1     8
 -7.0478468308320796E-01 a       609     0    26     1     9
  1.6742224532499972E+00 a       610     0    26     1    10
  9.0208647973385314E-01 a       611     0    26     1    11
  2.0318413995740361E+00 a       612     0    26     1    12
 -5.4920633730789092E-01 a       613     0    26     1    13
 -1.7342424500573053E+00 a       614     0    26     1    14
 -4.7220410716515095E+00 a       615     0    26     1    15
  7.2488789306116685E-01 a       616     0    26     1    16
  4.6055796718562086E-01 a       617     0    26     1    17
  2.9507888067935730E+00 a       618     0    26     1    18
 -7.1683379250143819E-01 a       619     0    26     1    19
 -2.2190681651533092E-01 a       620     0    26     1    20
 -4.0643889111290985E+00 a       621     0    26     1    21
 -5.6277686166951357E-01 a       622     0    26     1    22
  1.5510488492756542E+00 a       623     0    26     1    23
  2.2309503161315689E-01 a       624     0    26     1    24
 -3.0226338295464714E+00 a       625     0    27     1     1
  1.3689755427643631E+00 a       626     0    27     1     2
  9.7004088882723466E-02 a       627     0    27     1     3
  1.1416400262648874E+00 a       628     0    27     1     4
  2.6284046543701245E-01 a       629     0    27     1     5
  5.0861571174070246E+00 a       630     0    27     1     6
  1.9288786645653895E+00 a       631     0    27     1     7
 -3.6847520124319649E-01 a       632     0    27     1     8
  7.8339303361156173E-02 a       633     0    27     1     9
  3.8074543575403469E-01 a       634     0    27     1    10
  3.9687513241957328E-01 a       635     0    27     1    11
  9.8341284081378078E-01 a       636     0    27     1    12
 -1.8577388140474227E+00 a       637     0    27     1    13
 -7.2726789260234581E-01 a       638     0    27     1    14
 -5.5280342435874772E+00 a       639     0    27     1    15
  1.3900573117321104E+00 a       640     0    27     1    16
 -5.6515407215799218E-01 a       641     0    27     1    17
  6.3420143963623266E-01 a       642     0    27     1    18
  1.0168057800242194E+00 a       643     0    27     1    19
 -6.8381548144111237E-01 a       644     0    27     1    20
 -3.3139919473038546E+00 a       645     0    27     1    21
 -7.1728714502067381E-01 a       646     0    27     1    22
 -7.9546951483691786E-01 a       647     0    27     1    23
 -1.7879705422096066E+00 a       648     0    27     1    24
  4.5931555997433753E+00 a       649     0    28     1     1
  1.0571139938154799E+00 a       650     0    28     1     2
  1.5190453592663402E+00 a       651     0    28     1     3
 -1.3123851732213578E+00 a       652     0    28     1     4
  3.1464564651992708E+00 a       653     0    28     1     5
  4.1021752208560830E-01 a       654     0    28     1     6
  1.6552866076205561E+00 a       655     0    28     1     7
  1.3465345516936393E+00 a       656     0    28     1     8
 -4.0328186370576602E-01 a       657     0    28     1     9
  1.5216199835823734E+00 a       658     0    28     1    10
 -5.4976911036450393E-01 a       659     0    28     1    11
  1.0385307025326260E+00 a       660     0    28     1    12
  1.3941080545197924E+00 a       661     0    28     1    13
  8.7584122052625391E-01 a       662     0    28     1    14
  1.9317943678069893E+00 a       663     0    28     1    15
  9.9101535925721518E-01 a       664     0    28     1    16
  5.4231235259522981E-01 a       665     0    28     1    17
  7.0905272458045210E-01 a       666     0    28     1    18
  1.4156872238457692E+00 a       667     0    28     1    19
  1.8507520639602901E-01 a       668     0    28     1    20
 -4.5559309914518936E-01 a       669     0    28     1    21
  7.0944561628449943E-01 a       670     0    28     1    22
 -1.7935048483206043E-01 a       671     0    28     1    23
  1.3888661761710901E+00 a       672     0    28     1    24
 -3.1386344906883319E+00 a       673     0    29     1     1
 -2.6615093922564048E+00 a       674     0    29     1     2
  2.1126011042936761E+00 a       675     0    29     1     3
 -1.2174577147194259E+00 a       676     0    29     1     4
  3.0747789890583888E+00 a       677     0    29     1     5
  5.9125717471551176E-01 a       678     0    29     1     6
 -5.6996835550299184E-03 a       679     0    29     1     7
  4.5087032479918721E+00 a       680     0    29     1     8
  1.3562449710658937E+00 a       681     0    29     1     9
 -3.2415397261074301E+00 a       682     0    29     1    10
 -6.6135267426445521E-01 a       683     0    29     1    11
 -1.4072572240919298E-01 a       684     0    29     1    12
 -2.4322940333896295E+00 a       685     0    29     1    13
  2.8037850320673086E-01 a       686     0    29     1    14
  3.3049009223946082E+00 a       687     0    29     1    15
  1.1039912122025597E-02 a       688     0    29     1    16
 -4.9574087076424928E-01 a       689     0    29     1    17
 -1.1305930943257287E+00 a       690     0    29     1    18
 -6.5636328141716671E-01 a       691     0    29     1    19
 -1.9888506423319130E+00 a       692     0    29     1    20
  1.8924729687610293E+00 a       693     0    29     1    21
  1.3839520541054884E+00 a       694     0    29     1    22
 -3.2015656680334579E+00 a       695     0    29     1    23
  3.9071927010352092E-01 a       696     0    29     1    24
  2.0574763093572046E+00 a       697     0    30     1     1
  2.4266273442054975E-01 a       698     0    30     1     2
 -2.6396017251329789E+00 a       699     0    30     1     3
 -1.0375123223166576E+00 a       700     0    30     1     4
 -5.7912173271344625E-01 a       701     0    30     1     5
 -8.1471050890100436E+00 a       702     0    30     1     6
 -1.4951424905554425E+00 a       703     0    30     1     7
  1.9595408959360230E+00 a       704     0    30     1     8
 -5.4137831057417862E-01 a       705     0    30     1     9
 -1.6754402918581863E+00 a       706     0    30     1    10
 -9.9952262137093184E-01 a       707     0    30     1    11
 -1.7181454163874137E+00 a       708     0    30     1    12
  4.2694564106585746E+00 a       709     0    30     1    13
  5.3530720987564209E+00 a       710     0    30     1    14
  5.6453045128936346E+00 a       711     0    30     1    15
  2.9843732944234564E+00 a       712     0    30     1    16
  2.6986149607222043E-01 a       713     0    30     1    17
  3.3870848898666730E+00 a       714     0    30     1    18
 -3.7235251616512510E+00 a       715     0    30     1    19
 -1.1772581998944116E+00 a       716     0    30     1    20
  5.5124205013449679E+00 a       717     0    30     1    21
 -5.0684413012585383E-01 a       718     0    30     1    22
  2.2590596795266542E+00 a       719     0    30     1    23
  1.5254447404199629E+00 a       720     0    30     1    24
  1.0164888342322360E-01 a       721     0    31     1     1
  5.9973469916137734E-01 a       722     0    31     1     2
 -1.9686681469413110E+00 a       723     0    31     1     3
  2.4023000120580096E+00 a       724     0    31     1     4
 -1.5472110314951668E+00 a       725     0    31     1     5
 -4.9236363317531886E+00 a       726     0    31     1     6
 -2.3166879520514687E+00 a       727     0    31     1     7
 -4.4311135991289898E+00 a       728     0    31     1     8
  1.3854550624051181E+00 a       729     0    31     1     9
  4.8717372779220254E+00 a       730     0    31     1    10
 -2.0997972021685158E+00 a       731     0    31     1    11
 -1.7111294763091003E-01 a       732     0    31     1    12
  5.9412966932462004E+00 a       733     0    31     1    13
 -2.1106813265613526E-02 a       734     0    31     1    14
 -2.2945535279085782E+00 a       735     0    31     1    15
 -2.5390114310039826E+00 a       736     0    31     1    16
  2.5714188999952019E+00 a       737     0    31     1    17
 -1.2125257681802938E-01 a       738     0    31     1    18
  5.8695605671137834E+00 a       739     0    31     1    19
  6.7799098243456979E-01 a       740     0    31     1    20
  8.3879320142063618E-01 a       741     0    31     1    21
  3.4509349680618087E+00 a       742     0    31     1    22
 -2.5455096545613451E+00 a       743     0    31     1    23
 -2.3448545082412724E+00 a       744     0    31     1    24
  7.6130877667941954E+00 a       745     0    32     1     1
  1.0784570937612262E+01 a       746     0    32     1     2
 -4.2118916512993234E+00 a       747     0    32     1     3
 -9.5452899035258398E-01 a       748     0    32     1     4
 -1.7696810048219580E+00 a       749     0    32     1     5
  3.8489744953286897E+00 a       750     0    32     1     6
  1.6438463335238438E+01 a       751     0    32     1     7
 -2.6629520870635490E+00 a       752     0    32     1     8
  2.5354502452487506E+00 a       753     0    32     1     9
  5.4522987428740253E+00 a       754     0    32     1    10
  7.1865212733391202E+00 a       755     0    32     1    11
 -5.1961237490810017E+00 a       756     0    32     1    12
  1.8605552643638492E+00 a       757     0    32     1    13
 -7.0972470951868853E+00 a       758     0    32     1    14
  3.5137543652548140E+00 a       759     0    32     1    15
  1.1319253142909272E+01 a       760     0    32     1    16
  7.0661396658619529E+00 a       761     0    32     1    17
  1.4755098377493832E+00 a       762     0    32     1    18
  2.5307118743323525E+00 a       763     0    32     1    19
 -4.5705839734728952E+00 a       764     0    32     1    20
  5.1497962627573390E-01 a       765     0    32     1    21
  1.3198696318308447E+00 a       766     0    32     1    22
  1.0105373318667047E+01 a       767     0    32     1    23
 -2.1253372056367152E+01 a       768     0    32     1    24
 -4.8218708200194843E-01 a       769     0    33     1     1
 -1.6505230981031827E+00 a       770     0    33     1     2
 -2.3572494797788122E+00 a       771     0    33     1     3
  1.1701764281853599E+00 a       772     0    33     1     4
  3.8372371975453468E+00 a       773     0    33     1     5
 -1.7529993836487525E+00 a       774     0    33     1     6
 -2.4715406530864514E-01 a       775     0    33     1     7
  2.5223256914523611E+00 a       776     0    33     1     8
  5.9044698367345394E-01 a       777     0    33     1     9
 -6.1802392661992778E-01 a       778     0    33     1    10
  2.0353413005188767E+00 a       779     0    33     1    11
 -1.3526707948534447E+00 a       780     0    33     1    12
  1.0502411447960363E+00 a       781     0    33     1    13
  7.3874890554233730E-01 a       782     0    33     1    14
  3.7739822361567948E-01 a       783     0    33     1    15
  2.4769762155137434E+00 a       784     0    33     1    16
  1.1446659062335527E+00 a       785     0    33     1    17
 -4.1283845807590569E-01 a       786     0    33     1    18
  9.5934325485748717E-01 a       787     0    33     1    19
  1.3843601381042709E+00 a       788     0    33     1    20
  1.7653929487604960E+00 a       789     0    33     1    21
  9.8407465910788317E-01 a       790     0    33     1    22
 -2.4227449411328736E-01 a       791     0    33     1    23
 -3.9670375513359857E-01 a       792     0    33     1    24
 -4.4295040822808392E-03 a       793     0    34     1     1
  2.7649237788934644E-01 a       794     0    34     1     2
 -7.0097052072368035E-02 a       795     0    34     1     3
 -1.6115719051464625E-01 a       796     0    34     1     4
  4.4109965517287270E-01 a       797     0    34     1     5
 -6.8986419772208027E-02 a       798     0    34     1     6
  1.6232108687290908E-01 a       799     0    34     1     7
  1.6682093511128993E-01 a       800     0    34     1     8
 -7.2257714418294802E-02 a       801     0    34     1     9
 -1.0297568501625774E-01 a       802     0    34     1    10
 -3.4273422582442481E-01 a       803     0    34     1    11
  6.1579607531996072E-01 a       804     0    34     1    12
  3.1315001084782601E-01 a       805     0    34     1    13
 -6.6219118561671564E-01 a       806     0    34     1    14
  4.5738230211727106E-02 a       807     0    34     1    15
  2.6726400011324353E-01 a       808     0    34     1    16
  4.6287879695347056E-01 a       809     0    34     1    17
 -2.4125271068448334E-01 a       810     0    34     1    18
  4.8080475508639392E-01 a       811     0    34     1    19
  4.1351223868609305E-01 a       812     0    34     1    20
 -2.2367892202688960E-02 a       813     0    34     1    21
  5.3701550954959576E-01 a       814     0    34     1    22
  1.9872920802049926E-01 a       815     0    34     1    23
  2.7401685215010285E-01 a       816     0    34     1    24
  3.3108431153749712E-01 a       817     0    35     1     1
  1.5910558806194206E+00 a       818     0    35     1     2
  2.4945688556390979E+00 a       819     0    35     1     3
 -9.8664032196482032E-01 a       820     0    35     1     4
 -2.6134144681639100E+00 a       821     0    35     1     5
  1.8095680235180187E+00 a       822     0    35     1     6
  1.5306744192849794E-01 a       823     0    35     1     7
 -2.3363900121736507E+00 a       824     0    35     1     8
 -1.2923394773685857E+00 a       825     0    35     1     9
  1.2493291043067984E+00 a       826     0    35     1    10
 -1.1530111118561430E+00 a       827     0    35     1    11
  7.4965134751821005E-01 a       828     0    35     1    12
 -6.8289298702667356E-01 a       829     0    35     1    13
 -6.9744702235022482E-01 a       830     0    35     1    14
 -7.5169849337923778E-01 a       831     0    35     1    15
 -1.8488831043718865E+00 a       832     0    35     1    16
 -7.9179297188411779E-01 a       833     0    35     1    17
  1.6319635817635962E+00 a       834     0    35     1    18
 -5.3619691694500737E-01 a       835     0    35     1    19
 -1.7932537532465265E+00 a       836     0    35     1    20
 -6.2921051995592081E-01 a       837     0    35     1    21
 -1.3858938940335224E+00 a       838     0    35     1    22
  7.4604737366589191E-01 a       839     0    35     1    23
  8.6468531613944144E-01 a       840     0    35     1    24
 -9.5802446162520827E-01 a       841     0    36     1     1
  7.6104289166377670E-01 a       842     0    36     1     2
  6.9300685261172401E-01 a       843     0    36     1     3
  8.3879402612782886E-02 a       844     0    36     1     4
  4.0975303768103088E-01 a       845     0    36     1     5
  4.6575936442303278E-01 a       846     0    36     1     6
 -9.4832657682016874E-02 a       847     0    36     1     7
  7.6805958375947136E-01 a       848     0    36     1     8
 -1.3422956986925287E+00 a       849     0    36     1     9
  1.3627214499332723E+00 a       850     0    36     1    10
 -1.8401027089925451E-01 a       851     0    36     1    11
  2.0845046445892790E-01 a       852     0    36     1    12
  3.3018932694401221E-01 a       853     0    36     1    13
  1.8179598828319296E-01 a       854     0    36     1    14
  1.9825949336102086E-01 a       855     0    36     1    15
  9.6744778300812551E-01 a       856     0    36     1    16
  3.9991829604351348E-01 a       857     0    36     1    17
  8.3730574047555939E-01 a       858     0    36     1    18
  7.1172807402838198E-02 a       859     0    36     1    19
  6.3449040104655707E-01 a       860     0    36     1    20
  9.2875186138550136E-01 a       861     0    36     1    21
  1.4931983522037184E+00 a       862     0    36     1    22
 -3.4155796180690973E-01 a       863     0    36     1    23
  4.3481073587900260E-01 a       864     0    36     1    24
  2.3597061279869007E+00 a       865     0    37     1     1
 -1.9854925978500837E-01 a       866     0    37     1     2
 -9.7429938743774669E-01 a       867     0    37     1     3
 -8.1178161964300455E-01 a       868     0    37     1     4
  1.2952427047848514E+00 a       869     0    37     1     5
 -2.7874825110142383E+00 a       870     0    37     1     6
  5.3228153434359782E-01 a       871     0    37     1     7
  3.7180523646761023E+00 a       872     0    37     1     8
 -1.5844434966763623E+00 a       873     0    37     1     9
  1.7777782230348577E-01 a       874     0    37     1    10
  1.0894284899443027E+00 a       875     0    37     1    11
  1.9015299724358670E-01 a       876     0    37     1    12
  3.0775769373459066E-01 a       877     0    37     1    13
  2.6224912185131202E+00 a       878     0    37     1    14
  4.2723739037715669E+00 a       879     0    37     1    15
  1.5341942947531835E+00 a       880     0    37     1    16
  1.1537365580478793E+00 a       881     0    37     1    17
 -9.8931591507303329E-01 a       882     0    37     1    18
  1.5001577040495482E+00 a       883     0    37     1    19
  1.4708086044364956E+00 a       884     0    37     1    20
  1.0282126925056980E+00 a       885     0    37     1    21
  2.2227821189499681E+00 a       886     0    37     1    22
 -2.0290568891481673E+00 a       887     0    37     1    23
 -2.2642317783201484E+00 a       888     0    37     1    24
 -2.6198383320909535E+00 a       889     0    38     1     1
 -2.0650185111149257E+00 a       890     0    38     1     2
 -3.1727810237480254E+00 a       891     0    38     1     3
 -1.5181187773748006E-01 a       892     0    38     1     4
 -3.8088283372602532E+00 a       893     0    38     1     5
  8.1573194116780845E-01 a       894     0    38     1     6
  1.6509445956315467E+00 a       895     0    38     1     7
 -3.4090760836937450E-01 a       896     0    38     1     8
 -1.1920257198151203E+00 a       897     0    38     1     9
 -2.2322335135265843E+00 a       898     0    38     1    10
  1.2408685904592671E+00 a       899     0    38     1    11
  1.9360931245846873E+00 a       900     0    38     1    12
  1.3593230387538304E+00 a       901     0    38     1    13
 -1.3866154216104205E+00 a       902     0    38     1    14
 -2.6221507494125711E+00 a       903     0    38     1    15
  9.0840362307529365E-01 a       904     0    38     1    16
 -1.8778711847408454E+00 a       905     0    38     1    17
 -9.8701160577816993E-01 a       906     0    38     1    18
 -1.1388148860108878E+00 a       907     0    38     1    19
  6.0485523164938604E-01 a       908     0    38     1    20
 -3.0944820185141477E+00 a       909     0    38     1    21
  3.3172888347018892E-01 a       910     0    38     1    22
  2.9212952289843508E-01 a       911     0    38     1    23
  1.5190171013122826E+00 a       912     0    38     1    24
  5.1511838161119365E-02 a       913     0    39     1     1
  1.6240595725815052E-01 a       914     0    39     1     2
  6.7174878068626798E-01 a       915     0    39     1     3
 -2.8934965513281713E-01 a       916     0    39     1     4
 -4.8502464995015121E-01 a       917     0    39     1     5
 -5.5680502055470338E-01 a       918     0    39     1     6
 -1.3699039016985731E-01 a       919     0    39     1     7
 -3.1625906061802905E-01 a       920     0    39     1     8
  5.0529874685560972E-01 a       921     0    39     1     9
 -6.3443471671153917E-01 a       922     0    39     1    10
 -8.6886097227187364E-01 a       923     0    39     1    11
 -3.4366997146938300E-01 a       924     0    39     1    12
 -1.5074541469274809E+00 a       925     0    39     1    13
  5.1900241909918288E-01 a       926     0    39     1    14
  1.7549445576942002E+00 a       927     0    39     1    15
 -7.9493682616638095E-01 a       928     0    39     1    16
 -4.9845357157225512E-01 a       929     0    39     1    17
  7.6184625607267653E-01 a       930     0    39     1    18
 -9.7950371009146819E-01 a       931     0    39     1    19
 -1.0576986627684783E+00 a       932     0    39     1    20
 -6.9645531653733139E-01 a       933     0    39     1    21
 -1.7559932964321254E-01 a       934     0    39     1    22
 -6.4521417460670327E-01 a       935     0    39     1    23
 -7.9353574928170334E-01 a       936     0    39     1    24
  3.5513327006265936E-02 a       937     0    40     1     1
 -2.5964433078768367E+00 a       938     0    40     1     2
  2.5013487669726362E+00 a       939     0    40     1     3
 -1.8052231373755732E+00 a       940     0    40     1     4
 -1.9369785666033270E+00 a       941     0    40     1     5
  5.6559824748856546E-01 a       942     0    40     1     6
  9.8597550083453933E-01 a       943     0    40     1     7
 -6.2337406858531452E-01 a       944     0    40     1     8
 -3.3703633367662449E+00 a       945     0    40     1     9
 -2.0592680196029871E+00 a       946     0    40     1    10
  3.3755252706458907E+00 a       947     0    40     1    11
 -5.3252299909366374E-01 a       948     0    40     1    12
 -3.1861746101183219E+00 a       949     0    40     1    13
  3.9759860670969491E+00 a       950     0    40     1    14
 -2.0395530771408756E+00 a       951     0    40     1    15
 -3.9679094002834614E-01 a       952     0    40     1    16
 -2.1765071804885497E-01 a       953     0    40     1    17
  2.0999087747164151E+00 a       954     0    40     1    18
 -8.3861512636711244E-01 a       955     0    40     1    19
 -8.9898907676957285E-01 a       956     0    40     1    20
 -7.3693552437730403E-01 a       957     0    40     1    21
 -2.0840387202797057E+00 a       958     0    40     1    22
  1.8460226523394105E+00 a       959     0    40     1    23
 -1.2845563640491067E+00 a       960     0    40     1    24
 -2.5210374378075201E-01 a       961     0    41     1     1
 -1.7066549968642877E+00 a       962     0    41     1     2
 -1.7265807093582664E+00 a       963     0    41     1     3
  6.1948267343996541E-02 a       964     0    41     1     4
  2.1516596645874977E-01 a       965     0    41     1     5
  1.8774667619041769E+00 a       966     0    41     1     6
  1.0914419878707731E+00 a       967     0    41     1     7
  1.0754217692242598E+00 a       968     0    41     1     8
 -1.6774511608872514E-01 a       969     0    41     1     9
  9.6315220787497646E-01 a       970     0    41     1    10
 -2.0359767626180734E+00 a       971     0    41     1    11
 -4.6134107893518852E+00 a       972     0    41     1    12
  9.7385618285812947E-01 a       973     0    41     1    13
  2.2950664590298087E+00 a       974     0    41     1    14
 -1.7846333594670074E+00 a       975     0    41     1    15
 -3.9263657829109494E-01 a       976     0    41     1    16
 -2.9208959350195327E+00 a       977     0    41     1    17
  1.1330885276353466E+00 a       978     0    41     1    18
 -3.1616936305125019E+00 a       979     0    41     1    19
 -2.8433708475349193E+00 a       980     0    41     1    20
  2.6399314993181194E-01 a       981     0    41     1    21
 -1.4544193658406759E-01 a       982     0    41     1    22
  1.7049063406535039E+00 a       983     0    41     1    23
  6.2830470501142832E-01 a       984     0    41     1    24
  1.6123948080781519E-01 a       985     0    42     1     1
 -5.0020369032810541E-01 a       986     0    42     1     2
  2.3145394763952179E-01 a       987     0    42     1     3
  8.1881210814518524E-01 a       988     0    42     1     4
 -2.7973008193060252E-02 a       989     0    42     1     5
 -1.1769154315132950E+00 a       990     0    42     1     6
  3.4898548911338620E+00 a       991     0    42     1     7
  3.8150104198527679E-01 a       992     0    42     1     8
 -1.8894172766082720E+00 a       993     0    42     1     9
 -1.1325706569472362E+00 a       994     0    42     1    10
 -6.7932068547610458E-01 a       995     0    42     1    11
 -3.1760462123458648E+00 a       996     0    42     1    12
  9.8882433150534954E-01 a       997     0    42     1    13
  2.2029172745265302E+00 a       998     0    42     1    14
 -9.6328558983766821E-01 a       999     0    42     1    15
  2.0168826274288676E-01 a      1000     0    42     1    16
 -2.1274352038199411E+00 a      1001     0    42     1    17
  2.3980871563199000E+00 a      1002     0    42     1    18
  3.2806980299464945E-02 a      1003     0    42     1    19
 -1.7286808609320363E+00 a      1004     0    42     1    20
 -2.5853138348746141E-01 a      1005     0    42     1    21
  2.2947316443578300E-01 a      1006     0    42     1    22
  3.1573540813009000E+00 a      1007     0    42     1    23
  3.8648253916984581E-03 a      1008     0    42     1    24
  3.3843211858766780E+00 a      1009     0    43     1     1
 -2.9456316301631563E-01 a      1010     0    43     1     2
 -9.9107293700641463E+00 a      1011     0    43     1     3
  7.7200924876244104E+00 a      1012     0    43     1     4
  6.9755507567875852E-01 a      1013     0    43     1     5
 -1.2637782779785667E-01 a      1014     0    43     1     6
  4.0281303057873643E+00 a      1015     0    43     1     7
  5.5025668330462096E+00 a      1016     0    43     1     8
  4.7662580918062512E+00 a      1017     0    43     1     9
 -7.8927385055944865E-01 a      1018     0    43     1    10
 -4.0297449052414196E+00 a      1019     0    43     1    11
 -2.4972675665435955E+00 a      1020     0    43     1    12
  2.8591795841994081E+00 a      1021     0    43     1    13
 -2.2724853775739318E+00 a      1022     0    43     1    14
 -8.3617945815781471E+00 a      1023     0    43     1    15
 -2.8932578634741017E+00 a      1024     0    43     1    16
 -8.9139828379641592E+00 a      1025     0    43     1    17
 -1.9426846695492526E+00 a      1026     0    43     1    18
 -3.2158163059051574E+00 a      1027     0    43     1    19
 -7.7520573249858584E+00 a      1028     0    43     1    20
 -5.5449088473946464E+00 a      1029     0    43     1    21
 -1.6233178574644011E+01 a      1030     0    43     1    22
  6.8056910925302061E+00 a      1031     0    43     1    23
 -6.9648717060556757E+00 a      1032     0    43     1    24
  4.6619290312977633E+00 a      1033     0    44     1     1
  7.5708372208390085E-01 a      1034     0    44     1     2
  7.1587275282365515E-01 a      1035     0    44     1     3
 -4.3467089479657899E+00 a      1036     0    44     1     4
  5.4120929685316330E+00 a      1037     0    44     1     5
 -1.6912504145106599E+00 a      1038     0    44     1     6
 -2.9936754342727334E+00 a      1039     0    44     1     7
  2.9867327338519187E+00 a      1040     0    44     1     8
 -1.3010925015652217E+00 a      1041     0    44     1     9
  3.5825463107428948E+00 a      1042     0    44     1    10
  2.1591248099250171E+00 a      1043     0    44     1    11
 -3.7470133433013264E+00 a      1044     0    44     1    12
 -9.4422946631155247E-01 a      1045     0    44     1    13
  9.0019454617611749E-01 a      1046     0    44     1    14
  9.1452861031347832E-01 a      1047     0    44     1    15
  8.5967902840026977E-01 a      1048     0    44     1    16
  1.6176179246568279E+00 a      1049     0    44     1    17
  1.9920550830423365E+00 a      1050     0    44     1    18
  1.5845155462989267E+00 a      1051     0    44     1    19
 -2.3507509851890993E+00 a      1052     0    44     1    20
  3.1372141721867131E+00 a      1053     0    44     1    21
 -7.2318834329615156E-01 a      1054     0    44     1    22
 -1.3472340831924459E-01 a      1055     0    44     1    23
 -6.2559630947291334E-01 a      1056     0    44     1    24
  5.7448006278694244E-02 a      1057     0    45     1     1
 -2.9305704362038165E+00 a      1058     0    45     1     2
 -9.4769175938430328E-01 a      1059     0    45     1     3
  1.0373982573850786E+00 a      1060     0    45     1     4
  3.4818029189545081E+00 a      1061     0    45     1     5
  3.5702468513862664E+00 a      1062     0    45     1     6
  2.2842965347543198E-01 a      1063     0    45     1     7
  2.1361768187715655E+00 a      1064     0    45     1     8
 -1.0169121285599515E-01 a      1065     0    45     1     9
 -6.2951441231734540E-01 a      1066     0    45     1    10
  2.7418111594216832E+00 a      1067     0    45     1    11
  1.7847585342692369E+00 a      1068     0    45     1    12
  2.2994751131927038E+00 a      1069     0    45     1    13
 -4.3583105197049132E+00 a      1070     0    45     1    14
 -2.9157386888159564E+00 a      1071     0    45     1    15
  2.6734974844226223E+00 a      1072     0    45     1    16
  2.9683245217110308E+00 a      1073     0    45     1    17
 -3.3778027030029665E+00 a      1074     0    45     1    18
  2.9007346751470586E+00 a      1075     0    45     1    19
  2.7751281211873247E+00 a      1076     0    45     1    20
 -7.8093207794088337E-01 a      1077     0    45     1    21
 -2.9737161051857810E+00 a      1078     0    45     1    22
  1.7639621767242819E+00 a      1079     0    45     1    23
  2.1917186913368396E+00 a      1080     0    45     1    24
 -8.2298957691206311E+00 a      1081     0    46     1     1
  1.8115566582385407E+00 a      1082     0    46     1     2
 -3.7211525391089104E+00 a      1083     0    46     1     3
 -3.9658639135697316E-01 a      1084     0    46     1     4
 -5.3754145403792053E-01 a      1085     0    46     1     5
  2.9827915347074713E-01 a      1086     0    46     1     6
 -2.3677123362206007E+00 a      1087     0    46     1     7
  6.0872111532285542E+00 a      1088     0    46     1     8
  4.4374358871262336E+00 a      1089     0    46     1     9
  3.3276659765614514E+00 a      1090     0    46     1    10
 -3.0325389595906964E+00 a      1091     0    46     1    11
 -2.7810269816955042E+00 a      1092     0    46     1    12
  5.2670596556891551E+00 a      1093     0    46     1    13
 -7.3108556508501534E+00 a      1094     0    46     1    14
 -3.0675818809812725E+00 a      1095     0    46     1    15
  3.7410811028287521E+00 a      1096     0    46     1    16
  1.2019797573674955E+00 a      1097     0    46     1    17
 -4.0967917455490444E+00 a      1098     0    46     1    18
 -3.4502909328781390E+00 a      1099     0    46     1    19
  8.9339439612299054E-01 a      1100     0    46     1    20
  4.0517366004181303E+00 a      1101     0    46     1    21
 -4.9577195133088586E-01 a      1102     0    46     1    22
 -3.9334634269831330E+00 a      1103     0    46     1    23
  8.2205724053381191E-01 a      1104     0    46     1    24
 -1.3996654582951753E+00 a      1105     0    47     1     1
  4.9384574902338692E+00 a      1106     0    47     1     2
  7.2280216116285043E+00 a      1107     0    47     1     3
  6.8824038083548156E-01 a      1108     0    47     1     4
 -6.3545523782225377E+00 a      1109     0    47     1     5
 -2.1225929312886609E+00 a      1110     0    47     1     6
 -2.7434050550895739E+00 a      1111     0    47     1     7
 -3.5600437538484169E+00 a      1112     0    47     1     8
  1.9637949188608590E+00 a      1113     0    47     1     9
 -1.8388084990747295E+00 a      1114     0    47     1    10
  3.3791802083379983E+00 a      1115     0    47     1    11
  8.5233689411633726E+00 a      1116     0    47     1    12
 -5.4847236730066253E+00 a      1117     0    47     1    13
 -4.5591739768887010E+00 a      1118     0    47     1    14
  3.2278338042625006E-03 a      1119     0    47     1    15
 -2.3867410066575623E+00 a      1120     0    47     1    16
  4.4643036976434249E+00 a      1121     0    47     1    17
  2.9101308058636532E+00 a      1122     0    47     1    18
  5.5757020645934201E+00 a      1123     0    47     1    19
  4.0007554441186421E+00 a      1124     0    47     1    20
 -1.0494331101755485E+00 a      1125     0    47     1    21
 -7.6671636301470221E+00 a      1126     0    47     1    22
 -4.3440644352951523E+00 a      1127     0    47     1    23
 -3.9959365412452139E+00 a      1128     0    47     1    24
 -5.1413861461713788E+00 a      1129     0    48     1     1
  1.5094519474969219E+00 a      1130     0    48     1     2
 -1.6622159590752108E+00 a      1131     0    48     1     3
  1.3529609654701885E-01 a      1132     0    48     1     4
 -3.3013234612833413E+00 a      1133     0    48     1     5
  1.0973174559029018E+00 a      1134     0    48     1     6
 -7.5888145314260811E+00 a      1135     0    48     1     7
  2.0503521611368782E-02 a      1136     0    48     1     8
  2.1613674043130033E+00 a      1137     0    48     1     9
  5.8429955927712598E+00 a      1138     0    48     1    10
  1.3744683453013833E+00 a      1139     0    48     1    11
  3.3720125707902882E+00 a      1140     0    48     1    12
 -3.5297518281684139E+00 a      1141     0    48     1    13
 -4.3276590884160244E+00 a      1142     0    48     1    14
 -1.5343720556735467E+00 a      1143     0    48     1    15
  2.6728359480089159E+00 a      1144     0    48     1    16
  2.6216957704183810E+00 a      1145     0    48     1    17
 -6.9160421810869877E-01 a      1146     0    48     1    18
 -3.4640608411387834E+00 a      1147     0    48     1    19
  8.4210008456704810E-01 a      1148     0    48     1    20
  3.6559018819605917E+00 a      1149     0    48     1    21
 -2.7250367697660063E+00 a      1150     0    48     1    22
 -7.7970531085783845E+00 a      1151     0    48     1    23
 -2.8654467873206957E+00 a      1152     0    48     1    24
 -2.7867408177570883E+00 a      1153     0    49     1     1
 -1.1938810883161712E+00 a      1154     0    49     1     2
 -4.8713111721504729E+00 a      1155     0    49     1     3
 -1.1466345624443290E+01 a      1156     0    49     1     4
  2.3932753037857579E+00 a      1157     0    49     1     5
 -4.1965168859560409E+00 a      1158     0    49     1     6
  4.8406542018377001E+00 a      1159     0    49     1     7
  2.8516620302471383E+00 a      1160     0    49     1     8
 -6.7517504023097201E+00 a      1161     0    49     1     9
  6.4443100632228782E+00 a      1162     0    49     1    10
  7.8847406875529797E+00 a      1163     0    49     1    11
 -7.9788528980402829E+00 a      1164     0    49     1    12
 -1.5451215071198838E+00 a      1165     0    49     1    13
  3.1340497576097053E+00 a      1166     0    49     1    14
  3.3718702068321162E+00 a      1167     0    49     1    15
  2.9331154273281004E+00 a      1168     0    49     1    16
  1.7243487761222309E+00 a      1169     0    49     1    17
  2.6624929264795374E+00 a      1170     0    49     1    18
 -5.2822759377252881E-01 a      1171     0    49     1    19
 -4.5868065995756293E+00 a      1172     0    49     1    20
  7.7484069921082579E+00 a      1173     0    49     1    21
  1.3195259198763955E+01 a      1174     0    49     1    22
  6.6142511311339275E-02 a      1175     0    49     1    23
 -4.2910869905516371E+00 a      1176     0    49     1    24
 -2.0604443774352990E-01 a      1177     0    50     1     1
  1.3137194053368491E+00 a      1178     0    50     1     2
  1.4936027806533030E+00 a      1179     0    50     1     3
  1.2881635495086106E+00 a      1180     0    50     1     4
  8.5569349682899298E-01 a      1181     0    50     1     5
  4.3543087737371761E-01 a      1182     0    50     1     6
 -8.6934459518659324E-01 a      1183     0    50     1     7
  5.9624625550677368E-01 a      1184     0    50     1     8
  6.8985630316159363E-01 a      1185     0    50     1     9
  7.4112906904400166E-01 a      1186     0    50     1    10
  1.2409594421765585E-01 a      1187     0    50     1    11
 -2.2580186867633203E-01 a      1188     0    50     1    12
  1.7851445828698378E-02 a      1189     0    50     1    13
  3.6562524621312981E-01 a      1190     0    50     1    14
  1.5101432671733350E-01 a      1191     0    50     1    15
 -3.2224970448286233E-01 a      1192     0    50     1    16
 -1.8665309359442295E-01 a      1193     0    50     1    17
  1.6143531300132543E+00 a      1194     0    50     1    18
 -1.8274343498728831E+00 a      1195     0    50     1    19
 -2.4111580219582712E-01 a      1196     0    50     1    20
 -3.7241682705377601E-03 a      1197     0    50     1    21
  2.2480745426291388E-01 a      1198     0    50     1    22
 -4.0715664913108651E-01 a      1199     0    50     1    23
  1.1902886477851012E-01 a      1200     0    50     1    24
 -4.4875702408067952E-01 a      1201     0    51     1     1
  1.0478182958247131E+00 a      1202     0    51     1     2
 -5.5481526760203570E-01 a      1203     0    51     1     3
  9.9423776862491775E-01 a      1204     0    51     1     4
  3.5396912871159464E-01 a      1205     0    51     1     5
  4.0590645422097521E-01 a      1206     0    51     1     6
  1.8337695248233055E-01 a      1207     0    51     1     7
 -9.3271987971439696E-01 a      1208     0    51     1     8
  1.6616961797276151E+00 a      1209     0    51     1     9
  3.2950816218732842E-01 a      1210     0    51     1    10
 -1.5022582946766043E+00 a      1211     0    51     1    11
 -2.2740312102949609E-01 a      1212     0    51     1    12
  3.8412149081097707E-01 a      1213     0    51     1    13
 -6.5183930880204632E-01 a      1214     0    51     1    14
  1.0683263569486341E+00 a      1215     0    51     1    15
 -2.5679153022684026E-01 a      1216     0    51     1    16
 -9.0916479083425550E-01 a      1217     0    51     1    17
  9.8707950302843084E-01 a      1218     0    51     1    18
 -9.2755242848332309E-01 a      1219     0    51     1    19
 -3.8283820662211798E-01 a      1220     0    51     1    20
 -7.1126685040470417E-01 a      1221     0    51     1    21
  2.7017225089751101E-01 a      1222     0    51     1    22
 -4.6252676790487302E-01 a      1223     0    51     1    23
  5.4357551444545715E-01 a      1224     0    51     1    24
  5.7632816801773257E-01 a      1225     0    52     1     1
  1.1230831747755177E+00 a      1226     0    52     1     2
 -1.9014756985740571E+00 a      1227     0    52     1     3
 -6.8957744114510597E-02 a      1228     0    52     1     4
  7.1113026994237316E-01 a      1229     0    52     1     5
 -2.9409200714103485E+00 a      1230     0    52     1     6
  2.8218264971885585E+00 a      1231     0    52     1     7
  9.5802055716301604E-01 a      1232     0    52     1     8
 -2.3615597188423711E+00 a      1233     0    52     1     9
 -1.5539170562131734E+00 a      1234     0    52     1    10
 -2.5472261155612352E-01 a      1235     0    52     1    11
  4.5078942509077757E-01 a      1236     0    52     1    12
  2.4550689115608697E+00 a      1237     0    52     1    13
 -2.0370204820664579E+00 a      1238     0    52     1    14
  1.6977954482351645E+00 a      1239     0    52     1    15
  1.0864916340506963E+00 a      1240     0    52     1    16
  1.2711667771316542E+00 a      1241     0    52     1    17
 -5.0343534222875808E-01 a      1242     0    52     1    18
  1.9107250271066110E+00 a      1243     0    52     1    19
  1.1274754316422442E+00 a      1244     0    52     1    20
  4.2381585672509436E-01 a      1245     0    52     1    21
  3.5747833372026863E+00 a      1246     0    52     1    22
  6.8880498496647191E-01 a      1247     0    52     1    23
  1.0849545921726012E+00 a      1248     0    52     1    24
 -3.9074463819559990E+00 a      1249     0    53     1     1
 -1.8806288905245345E+00 a      1250     0    53     1     2
 -1.2870399028619695E+00 a      1251     0    53     1     3
  8.9022388031522848E-01 a      1252     0    53     1     4
 -2.2638066748201937E+00 a      1253     0    53     1     5
  3.1570544062854125E+00 a      1254     0    53     1     6
  1.6104441755300822E+00 a      1255     0    53     1     7
  9.5082459331174773E-01 a      1256     0    53     1     8
  2.8074385932190549E-01 a      1257     0    53     1     9
 -1.4856461020539349E+00 a      1258     0    53     1    10
  6.8877620471057210E-01 a      1259     0    53     1    11
  4.0694549416096484E+00 a      1260     0    53     1    12
  9.1149452110606866E-01 a      1261     0    53     1    13
 -1.2722840313525499E-01 a      1262     0    53     1    14
 -1.2732846938500593E+00 a      1263     0    53     1    15
  8.7810545997658884E-01 a      1264     0    53     1    16
 -2.9812416813941724E+00 a      1265     0    53     1    17
 -1.4266297763975273E+00 a      1266     0    53     1    18
 -3.0049746089744693E+00 a      1267     0    53     1    19
  2.6782749223970406E+00 a      1268     0    53     1    20
 -2.6154738610445056E+00 a      1269     0    53     1    21
 -5.0840436772451258E-01 a      1270     0    53     1    22
 -9.8733777423446512E-01 a      1271     0    53     1    23
 -3.1891298979189464E-01 a      1272     0    53     1    24
  1.1068839202768794E-03 a      1273     0    54     1     1
  6.8461835641073965E-01 a      1274     0    54     1     2
  1.9922945117377647E-01 a      1275     0    54     1     3
 -2.5425491635993311E+00 a      1276     0    54     1     4
 -8.2665968662534961E-01 a      1277     0    54     1     5
 -1.1978592781793060E+00 a      1278     0    54     1     6
  1.1046374982107482E-01 a      1279     0    54     1     7
  1.3351313819354169E+00 a      1280     0    54     1     8
 -5.6945220704074717E-01 a      1281     0    54     1     9
 -2.2467913412626814E-01 a      1282     0    54     1    10
 -1.7862649137738484E+00 a      1283     0    54     1    11
  2.0973632971473388E+00 a      1284     0    54     1    12
 -4.2710798571757969E-01 a      1285     0    54     1    13
  4.0899628908072155E-01 a      1286     0    54     1    14
  3.9079583491844256E+00 a      1287     0    54     1    15
  1.2557686782390909E-02 a      1288     0    54     1    16
 -1.5655128121689597E+00 a      1289     0    54     1    17
  1.7766883972037018E-01 a      1290     0    54     1    18
 -1.6086311259357300E+00 a      1291     0    54     1    19
  5.7388467417772426E-01 a      1292     0    54     1    20
 -2.8101478011723618E-01 a      1293     0    54     1    21
  3.6139077911595794E+00 a      1294     0    54     1    22
 -1.8086238005097741E+00 a      1295     0    54     1    23
 -1.4928766177925727E+00 a      1296     0    54     1    24
  3.0939043524419558E+00 a      1297     0    55     1     1
 -2.5057760918426379E+00 a      1298     0    55     1     2
  3.3714411855107600E+00 a      1299     0    55     1     3
  5.8878497269547980E-01 a      1300     0    55     1     4
 -1.4924617938107709E+00 a      1301     0    55     1     5
  5.6875288608257045E-02 a      1302     0    55     1     6
  9.4780756414077005E-01 a      1303     0    55     1     7
 -8.2144593850865166E-01 a      1304     0    55     1     8
 -5.2980977206559823E+00 a      1305     0    55     1     9
 -3.4562190005998947E+00 a      1306     0    55     1    10
  2.8961865986903281E+00 a      1307     0    55     1    11
 -2.1826379374747660E+00 a      1308     0    55     1    12
 -2.8183732474090704E+00 a      1309     0    55     1    13
  4.0560207378755910E+00 a      1310     0    55     1    14
  9.1579807529250967E-01 a      1311     0    55     1    15
 -1.8506039960650451E+00 a      1312     0    55     1    16
  1.5237871672994407E-01 a      1313     0    55     1    17
  3.4264586122070613E+00 a      1314     0    55     1    18
  7.4965514270084410E-01 a      1315     0    55     1    19
  5.1984915525839903E-01 a      1316     0    55     1    20
 -2.3007125228625882E+00 a      1317     0    55     1    21
 -1.4004796417090508E+00 a      1318     0    55     1    22
  9.8579865035697245E-01 a      1319     0    55     1    23
  2.8840613308435070E-01 a      1320     0    55     1    24
  2.0323561127629732E+00 a      1321     0    56     1     1
 -3.7006957553508522E+00 a      1322     0    56     1     2
 -6.1716190246324674E+00 a      1323     0    56     1     3
 -2.1899600629565324E-01 a      1324     0    56     1     4
  5.3166248053470913E+00 a      1325     0    56     1     5
  1.0775028451468840E+00 a      1326     0    56     1     6
  1.0550081751159692E+00 a      1327     0    56     1     7
  4.1599861188859997E+00 a      1328     0    56     1     8
 -1.5310151651924568E+00 a      1329     0    56     1     9
  1.2761710412162171E+00 a      1330     0    56     1    10
 -1.1381985323245045E+00 a      1331     0    56     1    11
 -3.6730117154817341E+00 a      1332     0    56     1    12
  4.6234578769076906E+00 a      1333     0    56     1    13
  2.1678794796288168E+00 a      1334     0    56     1    14
  1.5571018175733131E+00 a      1335     0    56     1    15
  2.0967939222617660E+00 a      1336     0    56     1    16
 -1.8670089512376746E+00 a      1337     0    56     1    17
 -3.4564436766647817E+00 a      1338     0    56     1    18
 -1.3081770507670409E+00 a      1339     0    56     1    19
 -1.2277772863565120E+00 a      1340     0    56     1    20
  8.0205868177113127E-01 a      1341     0    56     1    21
  7.1275080086020175E+00 a      1342     0    56     1    22
  2.6358329507177647E+00 a      1343     0    56     1    23
  2.6422047025888844E+00 a      1344     0    56     1    24
  7.8327118695801456E-01 a      1345     0    57     1     1
 -9.9227260322944733E-01 a      1346     0    57     1     2
  1.6958759188764769E+00 a      1347     0    57     1     3
  7.4101158499802988E-01 a      1348     0    57     1     4
  1.3021809946397704E+00 a      1349     0    57     1     5
  1.6460381782984676E-01 a      1350     0    57     1     6
  1.3108375539584916E+00 a      1351     0    57     1     7
  2.4000127619847569E+00 a      1352     0    57     1     8
 -4.0243947954761010E+00 a      1353     0    57     1     9
 -2.3705223646800488E-01 a      1354     0    57     1    10
 -5.9546294141218326E-01 a      1355     0    57     1    11
 -3.3692527021927696E+00 a      1356     0    57     1    12
  1.4714463823097543E+00 a      1357     0    57     1    13
  2.0091198622586264E+00 a      1358     0    57     1    14
 -2.5757093607886068E+00 a      1359     0    57     1    15
  1.5714810198899136E+00 a      1360     0    57     1    16
  2.5128915186485951E-01 a      1361     0    57     1    17
  3.6138957945019273E-01 a      1362     0    57     1    18
  1.2976388123496041E+00 a      1363     0    57     1    19
  1.8823099492963995E+00 a      1364     0    57     1    20
  2.6393354676550868E-01 a      1365     0    57     1    21
  5.4113712903754498E+00 a      1366     0    57     1    22
  1.3748252531714826E+00 a      1367     0    57     1    23
  2.4239396397752389E+00 a      1368     0    57     1    24
 -2.5417290707130404E+00 a      1369     0    58     1     1
  1.8899335455098092E+00 a      1370     0    58     1     2
  9.2729062962962079E+00 a      1371     0    58     1     3
  5.7095752288009116E+00 a      1372     0    58     1     4
 -6.0911372305673499E+00 a      1373     0    58     1     5
  4.0104284467067686E+00 a      1374     0    58     1     6
 -5.2357800609179543E+00 a      1375     0    58     1     7
  4.2594315829121481E+00 a      1376     0    58     1     8
 -6.7877512773914557E+00 a      1377     0    58     1     9
  1.7154112019390020E+00 a      1378     0    58     1    10
 -5.1349679868712341E+00 a      1379     0    58     1    11
  1.8204566068180136E-01 a      1380     0    58     1    12
 -3.9353414729949483E+00 a      1381     0    58     1    13
  7.8112065541626396E-01 a      1382     0    58     1    14
 -3.5897721152400703E+00 a      1383     0    58     1    15
  7.8344464586098161E-01 a      1384     0    58     1    16
  1.8025931004953584E+00 a      1385     0    58     1    17
  6.4386041461811514E+00 a      1386     0    58     1    18
 -8.4003667477714161E-01 a      1387     0    58     1    19
  4.9354775639430137E+00 a      1388     0    58     1    20
 -6.7958790152229442E-01 a      1389     0    58     1    21
 -3.7063401724290537E+00 a      1390     0    58     1    22
 -8.2474012255383233E-01 a      1391     0    58     1    23
 -1.3539776659626730E+00 a      1392     0    58     1    24
 -7.1364066943395539E+00 a      1393     0    59     1     1
 -1.6497929789534558E+00 a      1394     0    59     1     2
  1.3664576746940792E+01 a      1395     0    59     1     3
 -2.4510768269559819E+00 a      1396     0    59     1     4
 -9.6910341645486699E+00 a      1397     0    59     1     5
  1.2019424649745774E+00 a      1398     0    59     1     6
 -6.5912936419673720E+00 a      1399     0    59     1     7
 -7.8871242198971574E+00 a      1400     0    59     1     8
 -7.3396483455634876E-01 a      1401     0    59     1     9
 -2.3839593864720459E+00 a      1402     0    59     1    10
 -5.7887423626808890E-02 a      1403     0    59     1    11
  1.5282468631171293E+00 a      1404     0    59     1    12
 -6.5014912379516963E+00 a      1405     0    59     1    13
  6.3225489497114644E+00 a      1406     0    59     1    14
  5.7814523430622247E+00 a      1407     0    59     1    15
  4.3648246170662036E-01 a      1408     0    59     1    16
  6.4252104041624412E+00 a      1409     0    59     1    17
  5.3102329817303540E+00 a      1410     0    59     1    18
  9.0222651748948779E-02 a      1411     0    59     1    19
  8.8223659082804922E+00 a      1412     0    59     1    20
  4.8428616057010743E+00 a      1413     0    59     1    21
  5.5877973029034331E+00 a      1414     0    59     1    22
 -6.4845837803649982E+00 a      1415     0    59     1    23
  3.1801786827087080E+00 a      1416     0    59     1    24
  8.9601122513887166E-01 a      1417     0    60     1     1
  1.2069921124447915E+00 a      1418     0    60     1     2
  5.1376514432968967E-01 a      1419     0    60     1     3
  2.0510995235696421E+00 a      1420     0    60     1     4
 -1.1172252408952736E+00 a      1421     0    60     1     5
 -2.8044761188037683E+00 a      1422     0    60     1     6
  5.1166056225184497E-01 a      1423     0    60     1     7
 -2.7607808168040382E+00 a      1424     0    60     1     8
  1.6313980716614648E-01 a      1425     0    60     1     9
 -8.8976155304452742E-01 a      1426     0    60     1    10
 -4.1178346103439827E+00 a      1427     0    60     1    11
 -7.2981315457332263E-01 a      1428     0    60     1    12
 -8.0990133170204237E-01 a      1429     0    60     1    13
 -1.8482848910054930E+00 a      1430     0    60     1    14
  1.2641783651888656E+00 a      1431     0    60     1    15
 -2.0812532049904320E+00 a      1432     0    60     1    16
  3.1730784649669244E+00 a      1433     0    60     1    17
 -8.8008131960329938E-01 a      1434     0    60     1    18
  3.3114246222094561E+00 a      1435     0    60     1    19
 -5.8634870751960144E-01 a      1436     0    60     1    20
  1.6806544626310520E+00 a      1437     0    60     1    21
 -9.7667306770315110E-01 a      1438     0    60     1    22
  8.4365455417827595E-01 a      1439     0    60     1    23
 -6.0240125104149422E-01 a      1440     0    60     1    24
  3.9330922475212358E+00 a      1441     0    61     1     1
  3.2713280577371382E+00 a      1442     0    61     1     2
 -1.4920198738325225E+00 a      1443     0    61     1     3
  1.3968007131864222E+00 a      1444     0    61     1     4
  2.4594547432396094E+00 a      1445     0    61     1     5
  1.2906356555697793E+00 a      1446     0    61     1     6
 -5.1950079193920140E-01 a      1447     0    61     1     7
 -4.5902068007414600E+00 a      1448     0    61     1     8
  4.2178438671611804E+00 a      1449     0    61     1     9
  2.4893413220193485E+00 a      1450     0    61     1    10
 -2.6978634650352911E+00 a      1451     0    61     1    11
  5.4226319177134483E+00 a      1452     0    61     1    12
 -1.4549668218682990E-01 a      1453     0    61     1    13
  1.0046787455691106E-01 a      1454     0    61     1    14
  3.4140798608622465E+00 a      1455     0    61     1    15
 -2.6221054255370908E+00 a      1456     0    61     1    16
 -2.2779703194958563E+00 a      1457     0    61     1    17
  8.6624657754845213E-01 a      1458     0    61     1    18
  1.7490516988561131E+00 a      1459     0    61     1    19
 -1.5445476715347917E+00 a      1460     0    61     1    20
 -7.7924033424056938E-01 a      1461     0    61     1    21
  3.1210489145159701E+00 a      1462     0    61     1    22
  9.2715232439000739E-01 a      1463     0    61     1    23
  8.2228583959506843E-02 a      1464     0    61     1    24
  4.8379223589659306E+00 a      1465     0    62     1     1
 -8.7485923827014567E-01 a      1466     0    62     1     2
 -4.7389679399585477E-01 a      1467     0    62     1     3
 -2.3232408002094136E+00 a      1468     0    62     1     4
 -5.6964349585555185E-01 a      1469     0    62     1     5
  2.7966504367364486E-02 a      1470     0    62     1     6
  1.1640279282744639E+00 a      1471     0    62     1     7
 -2.6050804978700981E+00 a      1472     0    62     1     8
  4.9273735898374591E+00 a      1473     0    62     1     9
 -4.9156532778924893E+00 a      1474     0    62     1    10
  1.0154251007882560E+00 a      1475     0    62     1    11
  1.9522616950495524E+00 a      1476     0    62     1    12
  1.8566110511868883E-01 a      1477     0    62     1    13
  3.8791583928719631E-01 a      1478     0    62     1    14
  2.0270131557286657E+00 a      1479     0    62     1    15
 -5.0334533631625735E+00 a      1480     0    62     1    16
 -2.6056828239081314E-01 a      1481     0    62     1    17
 -2.5185597373668163E+00 a      1482     0    62     1    18
  2.0989106557546502E+00 a      1483     0    62     1    19
 -1.7842073614791076E+00 a      1484     0    62     1    20
 -2.8087897654840583E+00 a      1485     0    62     1    21
 -4.2716202995122998E+00 a      1486     0    62     1    22
  3.1321271486051194E+00 a      1487     0    62     1    23
  5.5393774516528993E-01 a      1488     0    62     1    24
 -1.3414105642653371E-01 a      1489     0    63     1     1
  9.7435848998494579E-01 a      1490     0    63     1     2
 -1.2404966599098131E+00 a      1491     0    63     1     3
  8.1180429031068790E-01 a      1492     0    63     1     4
 -3.3610142355273736E+00 a      1493     0    63     1     5
 -2.8625634207656407E+00 a      1494     0    63     1     6
 -5.5370466274630314E-01 a      1495     0    63     1     7
 -2.3290654494677088E+00 a      1496     0    63     1     8
 -3.2017792962328162E-01 a      1497     0    63     1     9
  7.0483098737312078E-01 a      1498     0    63     1    10
  1.0351245897305075E+00 a      1499     0    63     1    11
 -3.6795200008192106E+00 a      1500     0    63     1    12
 -6.0653815600080097E-01 a      1501     0    63     1    13
  3.8578093517210044E+00 a      1502     0    63     1    14
 -4.1448040009282465E+00 a      1503     0    63     1    15
 -1.3974229766080011E+00 a      1504     0    63     1    16
 -4.6843928998439910E-01 a      1505     0    63     1    17
  1.4768516645590515E+00 a      1506     0    63     1    18
  3.3021477303417207E-01 a      1507     0    63     1    19
 -2.2067735620723097E+00 a      1508     0    63     1    20
  2.8478255268873136E+00 a      1509     0    63     1    21
 -1.8024641324849811E+00 a      1510     0    63     1    22
 -9.8609446345486365E-02 a      1511     0    63     1    23
 -2.6991795389071127E-01 a      1512     0    63     1    24
  3.3114336728719684E+00 a      1513     0    64     1     1
  1.8424502861778997E+00 a      1514     0    64     1     2
 -5.6492780074360667E+00 a      1515     0    64     1     3
  4.5137716775867762E+00 a      1516     0    64     1     4
  6.4437533509096614E+00 a      1517     0    64     1     5
  3.1938642463289493E+00 a      1518     0    64     1     6
  6.3025333467912348E-01 a      1519     0    64     1     7
 -8.0686480150872626E+00 a      1520     0    64     1     8
  1.4823070184622253E+01 a      1521     0    64     1     9
 -4.6002025732755030E+00 a      1522     0    64     1    10
 -2.9397963324846499E-01 a      1523     0    64     1    11
  7.9134446917697794E+00 a      1524     0    64     1    12
  6.2153183422977971E+00 a      1525     0    64     1    13
 -7.5541070854048353E+00 a      1526     0    64     1    14
 -4.2896390639934543E+00 a      1527     0    64     1    15
 -3.6934809893908471E+00 a      1528     0    64     1    16
 -4.6557503779007616E+00 a      1529     0    64     1    17
 -8.1315533872846526E+00 a      1530     0    64     1    18
 -4.1325532089236267E-01 a      1531     0    64     1    19
 -3.9681372539245010E+00 a      1532     0    64     1    20
 -5.7592331915160173E+00 a      1533     0    64     1    21
 -7.0132777831218940E+00 a      1534     0    64     1    22
  1.1227287079766941E+00 a      1535     0    64     1    23
  7.7290319588959147E+00 a      1536     0    64     1    24
  6.8657577045315527E-02 b      1537     1     1
  4.1279561700979434E-01 b      1538     1     2
  2.1985037207125230E-01 b      1539     1     3
  2.5329377548108367E-01 b      1540     1     4
  4.1620107542304295E-02 b      1541     1     5
 -5.0873253281039921E-02 b      1542     1     6
  1.8303843497747652E-01 b      1543     1     7
 -6.3868031694745392E-02 b      1544     1     8
  2.3154848613240844E-01 b      1545     1     9
  3.5081321353994589E-02 b      1546     1    10
  5.9123246692618570E-01 b      1547     1    11
  3.2283501680113380E-01 b      1548     1    12
  4.0324951961302036E-01 b      1549     1    13
 -9.1280728262928920E-02 b      1550     1    14
  2.3828054033355711E-01 b      1551     1    15
  1.8824112267309734E-01 b      1552     1    16
  2.3319353113106631E-01 b      1553     1    17
  2.1046604223971502E-01 b      1554     1    18
  2.6169293191343368E-01 b      1555     1    19
  3.5032779249365426E-01 b      1556     1    20
  2.0838453115351008E-01 b      1557     1    21
  2.3140169616442754E-01 b      1558     1    22
  2.5228212508807524E-01 b      1559     1    23
  1.9427989243279406E-01 b      1560     1    24
 -1.2511717369151890E-01 a      1561     1     1     2     1
  2.9062457587345752E-01 a      1562     1     1     2     2
 -9.4847148795099093E-03 a      1563     1     1     2     3
  2.9179478891456129E-01 a      1564     1     1     2     4
 -1.3082732702887284E-01 a      1565     1     1     2     5
  5.7287922834389764E-02 a      1566     1     1     2     6
  4.1602682854163642E-01 a      1567     1     1     2     7
  2.0731762697182274E-01 a      1568     1     1     2     8
 -1.2393147628663390E-01 a      1569     1     1     2     9
  2.5298673105482883E-01 a      1570     1     1     2    10
  3.0040957358353820E-01 a      1571     1     1     2    11
 -2.8956695192201387E-01 a      1572     1     1     2    12
  9.9211769307823083E-01 a      1573     1     1     2    13
  4.5898437372864642E-02 a      1574     1     1     2    14
 -7.3314565985891655E-01 a      1575     1     1     2    15
 -5.8276914524464807E-01 a      1576     1     1     2    16
 -1.3379152610378223E-01 a      1577     1     1     2    17
 -2.2672752249437803E-01 a      1578     1     1     2    18
 -1.4584247302122985E-01 a      1579     1     1     2    19
  6.5608412617936773E-01 a      1580     1     1     2    20
  2.3275391168623033E-01 a      1581     1     1     2    21
  9.8000585455824174E-01 a      1582     1     1     2    22
 -1.5081172784497318E-01 a      1583     1     1     2    23
  3.1844156973692900E-01 a      1584     1     1     2    24
 -6.9996715596651982E-01 a      1585     1     2     2     1
  7.6574519509441885E-01 a      1586     1     2     2     2
  2.4100160853658475E-01 a      1587     1     2     2     3
  2.5763380782381351E-01 a      1588     1     2     2     4
 -6.0640931128232278E-01 a      1589     1     2     2     5
  5.1008553830518188E-01 a      1590     1     2     2     6
 -2.1623188079495057E-01 a      1591     1     2     2     7
 -6.9984265338890794E-01 a      1592     1     2     2     8
  8.1956937968797938E-02 a      1593     1     2     2     9
 -9.9127369375036123E-01 a      1594     1     2     2    10
 -1.2792503763416279E+00 a      1595     1     2     2    11
  9.7241233784997594E-01 a      1596     1     2     2    12
 -1.1989207773280690E+00 a      1597     1     2     2    13
  7.4676015730047707E-01 a      1598     1     2     2    14
  5.8170323962040793E-01 a      1599     1     2     2    15
  1.3310365372613320E+00 a      1600     1     2     2    16
  4.3848771971203016E-01 a      1601     1     2     2    17
  3.4242971911160580E-01 a      1602     1     2     2    18
 -6.0870091361914280E-01 a      1603     1     2     2    19
  5.5517855762958056E-02 a      1604     1     2     2    20
 -1.6464209691923820E-01 a      1605     1     2     2    21
  1.4419319513730746E+00 a      1606     1     2     2    22
  2.2478904379636144E-01 a      1607     1     2     2    23
 -3.5431864852432521E-01 a      1608     1     2     2    24
 -6.3893060818814318E-01 a      1609     1     3     2     1
 -1.4401982471572816E+00 a      1610     1     3     2     2
  2.9655756067845601E-01 a      1611     1     3     2     3
 -1.1160935075511035E-01 a      1612     1     3     2     4
 -7.3813860816346966E-01 a      1613     1     3     2     5
 -5.9789614130338631E-01 a      1614     1     3     2     6
  3.7883712479352233E-01 a      1615     1     3     2     7
  6.8387537747650085E-01 a      1616     1     3     2     8
  5.5398841537169763E-01 a      1617     1     3     2     9
  2.3856389251229224E-01 a      1618     1     3     2    10
 -4.9316910519899149E-01 a      1619     1     3     2    11
 -8.7196042224867099E-01 a      1620     1     3     2    12
 -1.3349525780692277E+00 a      1621     1     3     2    13
 -9.5236276363261796E-01 a      1622     1     3     2    14
 -2.1523786625677671E-01 a      1623     1     3     2    15
 -7.6286488415702258E-01 a      1624     1     3     2    16
 -2.2967602308482890E-01 a      1625     1     3     2    17
 -5.3737748565340249E-01 a      1626     1     3     2    18
  3.7440392600188138E-01 a      1627     1     3     2    19
