     -0.2557070693
     -0.0018069197
      0.1236349822
      0.1899910193
     -0.0649344408
      0.0312188026
     -0.0803189478
      0.1468581994
     -0.0110236787
     -0.2789404048
      0.1076147943
      0.1804868051
     -0.2031349774
      0.1319735652
      0.1536350351
      0.1478689550
     -0.0272079535
      0.0973876266
      0.3890795891
     -0.1186247710
      0.2547302296
      0.5309041380
     -0.4326638924
     -0.0728368731
     -0.0154683583
      0.1806585597
     -0.3328571728
     -0.0564846723
     -0.4863803783
      0.0981029748
     -0.9381230746
      0.0799009516
      0.1237472197
      0.2304666561
     -0.0399614516
      0.2040986845
      0.1487586544
      0.1913143145
     -0.3058121252
      0.2979644255
     -0.2201439597
     -0.0046084048
     -0.6062832965
      0.1300846493
      0.3313326322
     -0.2111378675
     -0.5022511596
     -0.1623579160
     -0.2747530511
     -0.5702881179
     -0.1902671512
     -0.0779124935
      0.2421368252
     -0.5511988256
     -0.0862155262
      0.1117528646
      0.6609168192
      0.0596872851
     -0.0167567586
     -0.7175642972
     -0.2483818013
      0.8431615417
     -0.4620855164
     -0.0175179827
     -0.3486929862
     -0.4814468275
     -0.0517905129
     -0.1413497868
      0.7879618723
      1.1245403468
     -0.6379265688
     -0.2618821699
     -0.2915257348
      0.2858516336
     -0.1814885755
      0.1101779130
      0.0976358375
     -0.2108123240
      0.3750210369
      0.1414270185
      0.1249036051
     -0.3740761951
     -0.3859411703
     -0.1265033862
     -0.3224300785
      0.3193101180
      0.2765792240
     -0.1088406359
      0.0296683793
     -0.0080283554
      0.6105307627
     -0.0236553737
     -0.2503414168
      0.1043876329
      0.5167415472
      0.1914151010
     -0.1318996053
      0.1187594636
      0.1165530601
     -0.1503257579
     -0.0480465931
     -0.5096555673
     -0.2837694402
     -0.1680697985
      0.1457833316
     -0.0016448373
     -0.4022557977
     -0.4178910040
     -0.0612589084
     -0.0662458690
      0.1249739687
     -0.1744615329
     -0.1705856479
      0.1425293055
      0.0989034045
     -0.1083822072
      0.1846691184
     -0.3965207569
      0.4484485397
      0.0967561403
     -0.0612068853
      0.8633728846
      0.3244582538
     -0.2203259313
     -0.2622016656
     -0.4805101528
      0.0172426049
      0.1774734322
      0.2273275348
      0.0509410347
     -0.5158305381
      0.0128264805
      0.0754016324
     -0.0638857233
      0.8223461928
     -0.2774438069
     -0.1392799927
     -0.5339992615
      0.5861088445
     -0.4373869079
      0.2011497503
     -0.7784153148
      0.5254915940
     -0.2157450271
     -0.0271125998
      2.0174217448
      0.2952173283
      0.1488869897
     -0.1211155968
     -1.9552139798
      0.0447394533
      0.0014390369
      0.5388337367
     -0.1486737993
     -1.5301257197
     -0.5606371390
     -0.0259549781
     -0.1811177656
      0.7889195476
      0.2901430225
      0.2856071815
     -0.6831244367
      2.1532234393
     -0.0870649992
      0.3877772500
     -1.4269777489
      1.1107362231
     -0.0170506844
     -0.1194292649
      1.0063123025
      0.3246619432
     -0.0393375490
     -0.2187611988
     -1.3263334405
      0.5017247325
     -0.1796524337
      0.2727682403
      0.2636117060
     -1.5846968715
     -0.0211349839
     -0.1177998690
     -0.6889323133
      1.6130775276
     -0.2281379545
     -0.1499095337
     -1.0862064867
      1.6806163371
     -0.5087703649
      0.1312652096
     -1.6555146228
      1.4965001894
     -0.1818242015
      0.1142736035
     -0.1946827939
      0.3118254570
      0.3301379671
     -0.2066464921
      0.0119578414
     -0.1500067450
      0.0649589920
      0.2274096497
     -0.2736155283
     -0.0255886751
      0.1402978927
      0.0373165424
     -0.0952255593
     -0.0251143009
     -0.3795445307
     -0.0382274653
      0.1361433300
      0.2058687590
      0.2255158698
      0.0889722134
      0.0302716740
     -0.3177467446
      0.2477616618
     -0.2711566556
      0.0105172272
     -0.1036380403
      0.3002211453
      0.2971269012
      0.2841505628
      0.0834735584
     -0.1139440186
      0.0328746230
      0.1710672636
      0.0994627994
      0.1527039023
      0.6071389937
      0.1166222836
     -0.0863254924
      0.1920597571
      0.0335582201
      0.2158126703
      0.0747544399
      0.0166040372
      0.0040187058
      0.3285195892
     -0.1364732431
      0.1368636417
      0.1478195664
     -0.3700327080
      0.0125869515
      0.2689734240
     -0.0762086001
      0.1989928875
     -0.3792122159
      0.1996380728
     -0.2536664177
     -0.3641854504
      0.3557038810
     -0.2019112780
      0.0227724916
     -0.0494388560
     -0.0934113030
      0.4617218654
     -0.1801430035
     -0.0153219386
      0.1201656343
      0.0104887623
     -0.0026933140
      0.3393596491
     -0.0553627501
     -0.0269033076
     -0.1345959875
      0.3251469438
      0.0780042769
     -0.1893883281
      0.1206837191
      0.1554729986
      0.1770325089
      0.1197073125
     -0.0023430664
      0.1323038479
      0.0268895703
      0.0339730260
      0.0369325038
      0.2090816647
      0.3698545841
     -0.0878549601
     -0.2431697264
      0.0797946008
      0.2078436894
      0.0518415856
     -0.0225050570
     -0.1940685182
      0.3485974235
      0.1165651496
     -0.0469029578
     -0.7215117840
      0.1402852323
     -0.2533849733
     -0.2467577941
      0.3376081287
     -0.3798179296
     -0.3170463831
      0.2072553284
     -0.2435411829
      0.2566652869
     -0.0291125692
     -0.0280031487
     -0.1778522916
     -0.3117822283
      0.0920039825
     -0.2646082470
      0.2236642860
     -0.2828993517
     -0.1108367862
     -0.0375241025
      0.4998724774
     -0.3911646739
      0.2049578418
     -0.1982601992
      0.0954547725
     -0.0440140968
     -0.0607122392
      0.2129984652
      0.0996502742
     -0.0030665480
      0.2025012063
      0.1037529857
     -0.1143682022
      0.0545659077
     -0.5890661540
     -0.1589619300
      0.0353553629
      0.0453833681
     -0.0142506212
     -0.0437695605
      0.1371824013
     -0.1322279282
      0.3126446308
      0.2059022175
      0.1173367026
      0.0313308355
      0.2477644394
     -0.2169489179
     -0.1865890445
     -0.3025475976
      0.2354745114
      0.1781838795
      0.2396283778
     -0.2050037681
     -0.1046428141
      0.0976629827
     -0.0201973052
      0.0841054973
     -0.1306354516
      0.1463750182
     -0.0459895279
     -0.0127294691
      0.3113257002
     -0.1216075938
     -0.0623740218
      0.0521686996
     -0.0704990915
      0.1760749200
      0.4173901617
     -0.0990355559
     -0.0049557278
     -0.0513635031
     -0.3085087232
     -0.0481522829
     -0.3012280416
      0.1501100652
      0.2137512513
      0.3495020711
      0.0437902749
     -0.1382618285
      0.3008667603
     -0.0147262942
      0.0236237549
     -0.1430186624
      0.2978675145
      0.0063545836
      0.0224300411
     -0.2419175609
     -0.1660592309
     -0.3016939922
      0.2684511719
      0.1950473701
      0.3882884618
      0.1517216030
     -0.3082044287
      0.2247862806
     -0.4643688026
      0.2249124619
     -0.0976073979
      0.5970183390
      0.2207392569
      0.1356513036
      0.1680469538
     -0.1051459095
      0.0517481160
      0.0249214762
      0.0428500454
      0.0228289476
     -0.4803413436
      0.2808036309
      0.1363776615
      0.0409060799
      0.0392461202
     -0.0643835170
      0.1046300040
     -0.1278662834
      0.1084885773
     -0.0454672847
      0.1156102763
      0.2446244833
     -0.4231053392
     -0.0302548970
     -0.0719579029
     -0.1194750061
      0.2439408950
      0.4052401900
      0.2609744335
      0.2938929551
     -0.1498915411
      0.0941750680
      0.1374162471
     -0.0523210123
      0.0801919730
     -0.6471199202
     -0.2261274285
     -0.0988804339
      0.0879411766
      0.1162216837
     -0.0852532999
     -0.2471881375
     -0.0515672293
     -0.0478600103
      0.1552053237
      0.0466674033
     -0.0318833217
     -0.2069259695
      0.3692259948
     -0.1039339709
      0.0258358926
     -0.4836511067
      0.1925021096
     -0.3102896785
      0.1729586086
     -0.3200175215
      0.2870188645
      0.1242331774
     -0.0166087511
     -0.0023244750
      0.0584018225
     -0.3608796585
      0.0333495176
      0.0287038944
      0.2495139390
      0.2981564065
     -0.2661586424
     -0.2412164557
     -0.3257816058
     -0.0076746057
      0.1352398912
      0.1283459613
      0.0696687872
      0.1101813498
      0.0212293439
      0.2033973033
     -0.1840924390
     -0.1886239477
     -0.0225390681
     -0.0883634862
      0.0678405665
      0.0315645441
     -0.4280546545
     -0.0167515613
      0.3742116546
      0.0012815380
     -0.0113720687
      0.3305422095
     -0.2839227941
      0.1122644728
      0.1312641719
     -0.0014541658
     -0.3620173249
     -0.2657219113
      0.3070886283
      0.1362974069
      0.1693784711
     -0.0727323371
     -0.0916131455
      0.1552847437
     -0.1397830051
     -0.5105904188
     -0.3251796378
      0.0527560471
     -0.0722699182
     -0.3065604689
     -0.3963508401
     -0.0686835981
      0.3539441007
     -0.0469465889
      0.2405337116
     -0.0963716084
      0.4432146964
     -0.5374877033
     -0.4726257992
      0.2818444224
      0.1350463797
     -0.2063349177
      0.3383841718
     -0.0209806613
      0.2003372502
     -0.2775561617
     -0.2459226767
      0.2342588343
      0.3816078214
      0.0691417955
      0.2853861941
     -0.2018595363
     -0.0903408275
     -0.2843169316
      0.4457710952
      0.0358320886
      0.1363835675
     -0.4677121370
      0.2660760934
     -0.1220525480
      0.4838666725
     -0.0740528938
     -0.2005678329
      0.1941552712
     -0.2680589186
     -0.0401819593
     -0.1011435500
      0.1778810711
      0.2164230205
     -0.1426237182
     -0.0716997397
     -0.1912836339
     -0.0608761919
     -0.1492224569
     -0.1683076831
      0.2483293801
     -0.1844663567
     -0.3715077891
      0.0464059959
     -0.2204594201
      0.0690426968
     -0.1106499330
     -0.1553435699
     -0.2606304250
     -0.1063458046
     -0.1509583681
     -0.1590936437
     -0.3325082146
     -0.0290851140
     -0.1508072861
     -0.1418216876
      0.3740330601
     -0.2600149013
     -0.2614007605
     -0.0344047890
     -0.0224471921
     -0.3274529350
      0.3437304963
      0.2628237761
      0.0321744527
     -0.2081705505
      0.0012412234
      0.0601431301
     -0.1702247137
     -0.2253846072
      0.0012728909
     -0.1995186550
      0.1253761949
      0.0621993175
      0.5137714082
     -0.0061793813
     -0.2672237669
     -0.2713081513
      0.2939286817
     -0.1096335171
     -0.0102352789
      0.0630189781
     -0.1960288784
      0.2044916570
     -0.1257119722
      0.0277200346
     -0.2887287612
      0.1896196261
     -0.3108738733
     -0.2010054279
      0.2153400086
      0.0474751165
      0.0967277001
     -0.2404175460
     -0.1475358045
     -0.1257802489
      0.0309859380
      0.0690227393
      0.0589195762
      0.0011038582
      0.0427255569
     -0.1834671064
      0.0251549377
     -0.1664608818
     -0.1880719279
     -0.2717503782
     -0.1845949890
     -0.1960874527
     -0.2008017001
     -0.1526349959
     -0.0724436898
     -0.1158839092
     -0.0154611613
      0.0568638161
     -0.0724265292
      0.0229974194
      0.0496763427
      0.0980852938
      0.2347241536
     -0.2462376847
     -0.1212525134
      0.0223174620
     -0.0038471006
      0.1689695135
      0.0325185971
      0.0015205811
     -0.1362632629
     -0.2353550185
      0.3090467840
      0.1707244010
      0.3425276963
     -0.0385300945
      0.2777917065
      0.0634136700
     -0.0570855324
      0.2216761682
     -0.1361236422
     -0.3747286693
     -0.1552195093
     -0.2768846996
     -0.1667601784
      0.0911524025
      0.2543577223
      0.0664313667
      0.1192856394
      0.0261631346
     -0.0014333734
      0.5063809187
     -0.0066575413
     -0.0604860355
     -0.2209334384
     -0.2647451844
     -0.1496008434
      0.3090699251
     -0.5189869244
     -0.0723704843
      0.0602839743
     -0.0773046348
     -0.1556333471
     -0.0997615055
      0.1459366387
      0.2175480610
     -0.1040128312
      0.1238708061
      0.0431710335
      0.1944579814
     -0.3329736987
      0.0289644079
      0.0600133407
     -0.3174282055
     -0.3365349587
      0.1794753730
      0.1502980446
     -0.0343447880
     -0.4019769261
     -0.0726051467
     -0.1500647707
      0.1838033644
     -0.0762089813
     -0.0853677203
     -0.0966204460
     -0.3223818301
     -0.2046207844
     -0.1218149775
     -0.0391123244
      0.2715919568
      0.0810562156
      0.1376412171
     -0.1142797674
      0.2029434250
     -0.1486554814
     -0.2253107411
      0.0545122116
      0.1312663008
     -0.1160982549
     -0.0079465477
      0.1323207462
     -0.2661778877
      0.2016664120
     -0.2530778640
      0.0172310596
      0.0042984780
     -0.2903530971
      0.1622810640
      0.4731689842
      0.0104015330
      0.4566480535
     -0.2500091605
     -0.0639651991
      0.0255179451
      0.0137116262
      0.6303517433
      0.0825011765
      0.0236932911
     -0.2842897089
     -0.0440723458
     -0.2552974547
      0.0647012220
     -0.7980772385
     -0.1796970774
      0.3100358913
     -0.0856274162
     -0.2731206763
      0.3217237868
     -0.0943949295
     -0.0569877309
     -0.1081522160
     -0.3370776544
      0.2970283642
      0.1802484385
     -0.2513720175
      0.1616883417
      0.0262239481
      0.1871776331
     -0.3263668504
      0.1835765571
      0.4652790284
     -0.3762389168
     -0.2357280520
     -0.1111722481
      0.1130384160
     -0.1384939187
      0.4395700569
     -0.1323269824
      0.3326192114
      0.1043061856
      0.0573399007
      0.2952903823
     -0.1215769726
      0.2248589420
     -0.3020746909
     -0.1847478445
      0.1936917917
     -0.1472936902
      0.6815002391
      0.0764389315
     -0.2104107677
      0.3544420216
      0.0777089738
      0.1536439287
     -0.1061102655
      0.1448459718
      0.4626086812
     -0.0317134049
      0.1031649071
     -0.2735234267
      0.1037042401
      0.2360513824
     -0.0329381255
     -0.0199485968
     -0.1184878808
     -0.0934372987
      0.1033382904
      0.1341092353
      0.2083497318
      0.0891128761
     -0.2508650587
     -0.2336566137
      0.2173649037
     -0.2443804355
      0.3048332944
      0.1447794298
      0.0434099198
     -0.3466483256
     -0.3024827707
     -0.0976685864
      0.0249807967
     -0.1639207474
      0.0725283056
      0.1646013208
      0.0916567895
     -0.1160567673
     -0.1153065571
     -0.0244946977
     -0.2831902601
      0.0896933217
     -0.0119463335
     -0.1430917196
      0.1233249666
     -0.1706271812
      0.2644088794
     -0.1190382894
     -0.1378852208
      0.0616353400
      0.0877300177
      0.2485619847
     -0.1185260230
      0.1175917051
     -0.2230912709
      0.0753211129
      0.2693660402
     -0.1668183195
     -0.1021466170
      0.0911204350
      0.1036640868
      0.0797262912
     -0.1151514058
      0.1124266167
      0.1132183084
      0.0802531282
      0.2891583758
      0.2067917036
      0.2603686620
      0.0130423758
      0.0720915296
      0.0696007219
     -0.0894402849
      0.0319308222
      0.2708710721
     -0.2241386719
      0.1129606296
     -0.0459602443
      0.0703049992
      0.1817606352
     -0.2445935460
     -0.1079594450
     -0.1351283444
      0.2283990045
     -0.3148493888
     -0.1983850731
     -0.2778583399
     -0.1380655041
     -0.2460106390
      0.2612312993
      0.2407754298
      0.0011483724
     -0.0085292897
      0.2919449600
      0.1718108466
      0.3122384107
     -0.0765758724
     -0.2292641368
      0.1085566541
     -0.2827496969
     -0.1869341042
     -0.1616560569
      0.3073097296
     -0.2648210639
      0.1772151429
      0.0931239134
      0.0654947755
      0.2904885528
      0.1674518083
      0.0316604749
      0.1210181965
      0.2207171949
      0.0173640645
      0.2272297247
     -0.2468229135
      0.0230503558
     -0.1922425273
     -0.2798829683
     -0.1030062505
     -0.2456740489
      0.2082383673
     -0.0050079748
     -0.1162894120
     -0.2282527563
      0.0737938044
      0.1137016390
     -0.2618902419
     -0.2163934710
     -0.3060956457
      0.2642091965
     -0.0763004317
     -0.1765380932
      0.3419993955
      0.2218608461
     -0.2444694453
     -0.2933882591
      0.3045577583
     -0.3706693617
      0.1888020459
     -0.2069456923
      0.0175532285
      0.0987276508
     -0.3279603535
     -0.1585398443
      0.2241095704
     -0.2349982684
     -0.0475199179
     -0.2930518709
      0.3002893991
      0.1857726587
      0.0901755068
     -0.2054991355
     -0.0498387618
      0.2948528563
     -0.2183128737
     -0.2182284338
     -0.1477142745
      0.3454936423
      0.0528128569
      0.0594615265
     -0.1912668346
     -0.1527251855
     -0.3135052754
      0.2258515622
     -0.1611188923
      0.1876696791
      0.1607569094
      0.2110354283
      0.0357613673
      0.0564778997
      0.1283233496
     -0.0062537587
      0.2088786203
      0.1086229120
     -0.1380597691
     -0.1818829714
     -0.2457341756
     -0.1047996405
     -0.1429300157
     -0.0046797767
     -0.3365511667
     -0.0062872546
      0.0112550100
     -0.2510829426
      0.1082477309
      0.2168977096
      0.0060018315
      0.2034134522
      0.2651707186
     -0.1661430125
     -0.0691181491
      0.2427553757
     -0.2240148820
      0.1549628766
      0.0523529947
      0.2724247339
     -0.2092269918
     -0.2585745844
     -0.0056855571
     -0.1071280443
      0.1717689903
     -0.2586997715
     -0.2275102579
     -0.0933816050
      0.2133469965
     -0.0629576055
      0.2113353308
     -0.0840888855
      0.2467140985
     -0.0159925710
     -0.0157401530
      0.2219770037
     -0.0678348397
     -0.1546927446
      0.0213637512
     -0.0587238876
     -0.2490017496
      0.2451924376
      0.2533648020
      0.1387135679
      0.2523083432
      0.2571646350
     -0.1145997300
     -0.1835004608
     -0.1328966128
      0.1348254392
      0.0545846454
     -0.1955534928
      0.0852628831
     -0.2323739987
     -0.3821585848
      0.0045741176
     -0.0207932633
      0.0103278638
      0.0576725470
     -0.0168047437
     -0.3270986722
     -0.3986317008
     -0.1862077268
     -0.0481957779
     -0.0253921782
     -0.2443608269
     -0.4455431852
     -0.0675301567
      0.1549896446
      0.0315635382
      0.3537943836
     -0.2591469183
     -0.0677064242
     -0.1148172070
      0.1666412481
      0.0568334273
     -0.1230364498
     -0.4220309809
     -0.2144182068
     -0.1737519863
      0.2538511343
      0.0479910868
      0.1574121970
      0.1220230477
      0.1097892526
     -0.1590248268
      0.1866422534
     -0.0157021882
     -0.0359086880
      0.2959494273
     -0.1760875294
     -0.2408942537
     -0.1769756231
      0.2436392159
     -0.0541188685
     -0.0829883133
     -0.1658927424
     -0.2218456454
     -0.1230891254
     -0.0378586762
      0.1161806954
     -0.1618665476
     -0.2666472739
     -0.1995068550
     -0.1473478836
     -0.2910889806
     -0.0029837170
      0.0511580614
      0.1837582228
     -0.0323061745
      0.1405223487
     -0.3388512506
     -0.1522108668
      0.1969676553
      0.2679158896
      0.1444871546
     -0.0749615818
     -0.2777701038
     -0.1973557886
     -0.2374622024
     -0.2530488201
      0.1290712871
      0.1210091815
     -0.1811535939
     -0.3208049821
      0.4271454517
     -0.0501158340
     -0.1812093346
      0.2117196087
     -0.1944823568
     -0.1615534038
      0.2645920956
      0.2102242271
     -0.0947967757
      0.0255109594
      0.0295563650
     -0.2879537734
     -0.0940268838
      0.0284853343
      0.0728432224
      0.0691475634
     -0.0496061638
     -0.0128042551
     -0.0792326856
     -0.2791418581
     -0.1445890734
      0.0557761915
      0.2716044916
     -0.1342504123
     -0.0146516683
     -0.0673035685
      0.0209900814
     -0.2062811233
      0.0347153069
      0.1762151998
      0.2257129603
      0.0549607412
      0.0428145793
      0.2142693215
      0.2634647837
      0.2816059545
      0.2046057242
     -0.0080946206
      0.3133551396
      0.2666322708
     -0.1103364191
      0.3005369587
     -0.1820212637
     -0.1593182015
      0.1448736584
     -0.1739712765
      0.2180555499
     -0.0372353726
     -0.3125263647
      0.3981573154
      0.2823107197
      0.0596941410
     -0.0374631233
     -0.3138616653
      0.1494251002
     -0.1797850079
     -0.0966542308
      0.0027467997
      0.0461916144
     -0.3915966528
     -0.0387083725
     -0.1933432822
      0.1806132724
     -0.0891232366
     -0.3683171412
     -0.1412952961
      0.2867899483
      0.0689363151
     -0.1790253293
      0.1623412217
      0.1233111358
     -0.3443836824
     -0.4137697760
      0.1495152288
      0.2591774134
     -0.1000825434
      0.1484787014
      0.2394892631
      0.1114250817
      0.1113827088
     -0.0539122914
      0.0449670514
     -0.3396757439
      0.2236436411
     -0.1144861929
     -0.1722065564
      0.2283462733
     -0.3053997573
      0.1432254856
      0.4166808311
      0.0203744231
      0.1369323722
      0.1028731986
     -0.1633524352
      0.2187278196
      0.1093014706
     -0.2848820481
     -0.4135748972
     -0.2733178375
      0.2402229128
     -0.2618615034
     -0.2590890644
      0.0639383901
     -0.2474024156
      0.1264774858
     -0.2384000114
      0.2017925774
     -0.2965752789
     -0.0230458817
     -0.1342369849
      0.0016942485
      0.1054095843
     -0.1537759485
      0.2413848712
      0.0470129167
     -0.0142538392
     -0.2205673086
      0.0070111042
     -0.1335174126
     -0.0140059530
      0.1096411813
     -0.2490690599
     -0.0583725188
     -0.0523974068
     -0.1554951056
     -0.2534224337
      0.0256377708
     -0.0381121074
     -0.0855095179
     -0.1726516532
      0.3018223764
     -0.1340698345
      0.1430599603
     -0.1468669321
     -0.2337909136
      0.2324102417
     -0.0518566328
      0.2564728247
     -0.2330832466
     -0.1696062494
      0.1069208572
     -0.2145604992
     -0.1293280373
     -0.0647354594
     -0.2883898035
     -0.1088162070
      0.1833988471
     -0.1228441559
      0.2689280088
     -0.3062052731
     -0.2741812245
     -0.2696281309
     -0.0224852507
      0.0680593683
     -0.0669014579
      0.0231501705
      0.2128860453
      0.1000563935
     -0.0485272617
     -0.2861044407
      0.0849384465
      0.0969246998
     -0.0552963783
     -0.2603746014
     -0.1704491621
     -0.0079545984
     -0.3103653870
      0.0836993765
     -0.0737981501
     -0.1144471741
      0.2438268094
     -0.2186242175
     -0.1605336248
     -0.2227358329
     -0.3124237514
      0.1310895400
      0.1150420816
      0.1108330032
     -0.0640328580
      0.0958566349
      0.0397254113
      0.1444945326
     -0.1144853590
     -0.1416140593
      0.0946055254
      0.0248315849
     -0.0466329447
      0.1510248061
     -0.2817306341
      0.3255007797
     -0.1819589445
     -0.1864504461
     -0.0021877108
      0.0909522856
      0.2195310440
     -0.1841671217
     -0.2126091766
     -0.1925638621
     -0.0562370136
     -0.2489154450
     -0.3187526407
      0.2752214397
      0.1947940161
     -0.2720749915
     -0.1536182057
      0.1576481333
      0.1498771789
     -0.3132940614
     -0.0704778651
      0.1461839112
      0.2013277185
     -0.0540501608
      0.2024946937
      0.0491953505
      0.3552831346
      0.1070562664
     -0.2388356572
     -0.1497162700
      0.1239896507
      0.0864640101
     -0.0906358512
     -0.0238590343
      0.2859724066
      0.2272394790
     -0.3496274829
     -0.0404770939
      0.2274852267
     -0.1444183913
      0.2471123679
     -0.2494100678
     -0.1474046558
     -0.1966690990
     -0.0492264819
      0.3727768958
      0.0327441077
     -0.0359760505
     -0.2715788644
      0.3410804824
     -0.0677150907
      0.3477379773
     -0.0691994956
      0.3099172980
      0.1073208177
      0.3286657176
     -0.0099827917
      0.0795505296
      0.0861931952
      0.2424779563
      0.1473634699
     -0.2167359421
      0.1056580394
     -0.1752008587
      0.2841315571
     -0.0496172500
     -0.2050836902
      0.0887985638
     -0.1215929322
     -0.1905420694
      0.2644808437
     -0.2828562311
     -0.0041315461
      0.0195040649
      0.0045758653
     -0.2368399263
     -0.1572346154
      0.2133301922
      0.0852072097
      0.0193583994
      0.0740548948
     -0.4442487908
      0.1962862643
      0.1789022486
      0.1152238565
      0.0595097100
     -0.0815906432
      0.2443735600
      0.2980390436
      0.0878574317
      0.0535941395
     -0.2069242908
     -0.3537543547
      0.0316898336
      0.0477902309
      0.0788254062
     -0.0162917207
     -0.2089750775
     -0.0936614280
      0.0187062271
      0.1878537498
      0.3867269429
     -0.2560747483
     -0.1542919649
      0.1689701266
     -0.3717653372
     -0.0051507828
     -0.2408706029
      0.0869438771
     -0.2786742737
      0.1433240344
      0.0608431762
      0.1934274773
     -0.3217737867
      0.1060738316
     -0.2844368003
      0.2852800733
     -0.2230591698
      0.1467074620
      0.1157131415
      0.2125778536
     -0.4425422346
      0.2306361478
     -0.0875079604
     -0.0112310019
      0.0514212397
     -0.2126879284
     -0.0122131778
      0.3545663452
      0.0926946254
     -0.0593918509
      0.1681111570
      0.0873232766
     -0.0698859332
      0.2319200613
      0.2263103291
     -0.0669324755
     -0.3100764866
      0.2180520384
     -0.0729358588
     -0.0371643953
     -0.1954853155
     -0.1764575031
      0.2554197432
      0.1621281891
     -0.2654486223
      0.2160986047
      0.2931667756
     -0.0463593916
     -0.1248755314
     -0.2298512872
     -0.2744793951
     -0.2776780297
      0.0155554145
     -0.1601796753
     -0.1059886057
      0.3181385119
      0.0900210785
     -0.2037447252
     -0.0487247507
      0.0070472072
      0.0218202553
     -0.1397734783
      0.3107375315
     -0.1906943993
      0.1527306549
      0.2994518195
     -0.3008389956
      0.1146420536
     -0.1485483625
     -0.2684975601
      0.0727282491
      0.0700623543
     -0.0899764915
      0.2426099133
      0.1891973261
     -0.1399207595
      0.0966785254
     -0.1855449224
      0.0777546769
      0.2796063510
      0.1890806256
      0.2616159297
     -0.3125114525
      0.2911646665
     -0.1424838879
      0.0213114003
      0.0849552888
      0.1372246122
     -0.3043816971
      0.1287900476
      0.2532249972
     -0.2386518434
     -0.1208574213
      0.2234363419
     -0.0458743339
      0.1587385791
     -0.0520244632
      0.2325527188
      0.1569220392
      0.3600099697
      0.0766109184
     -0.3028356502
     -0.2016317720
      0.1280579623
     -0.0891741972
      0.1470594946
     -0.0165065706
      0.2327722330
      0.0193519649
     -0.2394297970
      0.2109148270
      0.1813499034
     -0.2558855737
      0.2971810603
     -0.2687940237
      0.1909927785
     -0.2350305021
      0.1238441221
     -0.2449828770
     -0.0799666336
      0.0787919076
      0.1071305138
      0.2283740215
      0.3837663728
      0.1115012052
      0.0485214416
     -0.2621975148
     -0.3748809400
      0.0976219688
     -0.2177877301
      0.0928502833
     -0.1957974858
     -0.0664398754
     -0.1090115252
     -0.3126207667
      0.0049882176
      0.0265916928
      0.2607278246
      0.1584798714
      0.1501836510
     -0.0780514019
      0.0023206618
     -0.0791153790
     -0.5456136509
      0.2400053248
      0.0521351196
     -0.0273426176
      0.1529125683
      0.1951532331
     -0.2054578998
     -0.1021722364
      0.1525050724
     -0.2300787154
      0.2643957978
      0.1993506274
     -0.1050588553
      0.2349982643
     -0.2665888417
     -0.2580785893
     -0.0573168626
     -0.1114841589
      0.0602532055
      0.2636862021
      0.2601625581
     -0.0392629920
     -0.0437717595
      0.0111260882
      0.3985167517
      0.0560463447
     -0.2295409928
      0.1371874510
      0.2903047267
      0.2478138302
      0.1701498490
     -0.1343965767
     -0.2243062900
      0.2352156365
      0.2160886692
     -0.1851447537
      0.1147008816
     -0.3029452584
      0.0666002849
      0.2146460518
      0.0656019847
     -0.2439632344
      0.1444948336
     -0.1700577080
     -0.1304186177
      0.0936101451
     -0.2263900894
      0.3298362145
      0.2347158953
     -0.0565643115
     -0.2626114860
     -1.1902813004
     -0.2149606344
     -0.6713949531
      1.1264927832
      1.1763102156
      0.1364974506
      0.5151643247
      0.1099850313
     -0.1617608436
     -0.5909854893
     -0.7331051259
      1.0768623316
     -0.2206814174
      0.9170387307
      0.5908300984
      0.5450955672
     -0.5400409412
      1.1570283366
     -1.1252083457
      0.9469848940
      1.2236198780
     -0.4824186025
      1.1648433873
     -0.8732863033
     -0.2233333934
     -0.4252882052
      0.0075745529
     -0.1416023111
     -0.0278861734
      0.2101090009
      0.4922664410
      0.1831031593
      0.5134256017
      0.3824414478
     -0.6035459232
     -0.5309940460
     -0.1301962407
      0.5746225321
     -0.0887292378
      0.0321341125
      0.4278236050
     -0.2597247536
      0.1343505433
     -0.1426355705
      0.0250741847
     -0.0045633041
     -0.4302385746
     -0.0376218179
      0.1230400485
     -0.2454052843
     -0.5349954496
      0.1748508077
     -0.2902214998
     -0.2746928528
      0.2616156563
      0.8160493782
     -0.1959171570
     -0.1315867335
      0.7203068915
      0.4187997110
      0.0325457756
     -0.7714403406
      0.8203902609
      0.1517125945
     -0.4616805375
     -0.3479005195
     -0.0935974002
     -0.4377998067
      1.0988570436
     -0.3873504931
     -0.5371879585
      0.1266080051
     -0.5996894832
      0.3038845778
     -0.5374308008
      0.4351352823
      0.2770217079
     -0.0005034741
      0.0390326882
      0.8182801055
     -0.2357830075
     -0.4528612833
      0.4306895296
     -0.5243774383
     -0.6523718449
     -0.1671348283
      0.5814515429
      0.5704390032
     -0.3417123192
     -0.0344737836
     -0.0570536932
      0.3750038317
      0.2878981448
      0.2283058372
      0.0418913066
     -0.1769857403
     -0.3641504678
     -0.0451670614
      0.3179276355
     -0.4228130578
     -0.0089556811
     -0.6574029561
      0.0355824739
     -0.5035351997
      0.1223027628
     -0.3493068424
      0.2119701871
      0.0392483050
      0.5177523608
      0.4942685742
     -0.3450244717
      0.2509387005
     -0.4105828128
      0.1398941987
     -0.4082444786
      0.4432352010
     -0.2141711466
      0.4383144005
      0.3234483143
     -0.3777062403
      0.0847612736
     -0.4004553934
      0.0673198172
     -0.3896204514
      0.4055401309
     -0.1128876004
      0.0141855859
      0.3568794229
      0.6410921817
      0.6653265939
      0.5334533539
     -0.1263422645
     -0.1224220881
      0.3427944290
      0.2138934716
      0.5896627721
      0.0679206768
      0.0231323582
      0.5148712340
     -0.6537430898
     -1.2506605734
     -0.7237513910
     -0.1967424580
     -0.2529705010
     -0.1999738972
     -0.1058907855
      1.0225129369
     -0.0704738119
     -0.0907226813
      0.3602849095
      0.2909016250
     -1.0225850971
      0.2474847526
      0.2160345133
     -0.0072335009
      0.5340031848
      0.1359553812
      0.3554611011
     -1.0469516884
      0.0288883940
     -0.4005614347
     -0.5588489414
     -0.3679982975
     -0.0348411763
     -0.0597881687
     -0.1598595673
      0.1347930518
      0.5522607811
      0.4362050607
     -0.3067770957
     -0.1578624841
     -0.5995101634
     -0.5152782815
     -0.2398130163
     -0.3682216974
      0.4673480260
      0.1250622980
      0.4435274790
     -0.7545979018
      0.0913402382
      0.2650816522
     -0.3968227177
      0.1830734467
      0.0330113171
     -0.3250646907
      0.5227699822
     -0.2561847916
      0.2990382615
     -0.3328930919
     -0.6125795066
      0.1889763035
      0.3252121824
      0.4209982869
     -0.3820333358
      0.3075239418
      0.6355278745
      0.1166748593
     -0.0048070580
     -0.1888313874
     -0.9465555159
     -0.1013470462
     -0.2572268225
     -0.3074232529
     -0.0531577671
      0.2962477525
     -0.2726126385
     -0.2405708411
     -0.5876478589
      0.2901228025
      0.5863289920
      0.5363945674
     -0.3853662635
      0.4229785288
     -0.0740932763
      0.3274604191
     -0.1938792915
     -0.7739482069
     -0.5826196146
      0.1615531295
     -0.5891930386
     -0.3943112604
      0.4214902348
     -0.1432230589
      0.1545504850
      0.4310577700
     -0.2432217421
      0.6161243761
     -0.1147620705
     -0.2821345291
      0.3832622855
      0.1143205165
     -0.4004018139
      0.2778070728
     -0.2151275187
      0.0083914207
     -0.0249447693
     -0.1566524156
     -0.4380283108
      0.0613920042
     -0.6165356722
     -0.1924290068
     -0.1263892309
      0.5069056642
      0.0138082428
     -0.2509037000
      0.5913983262
     -0.2138814632
      0.3912830823
      0.0193879294
      0.5174084298
      0.2299609759
     -0.1685941011
     -0.1446021742
      0.0283789408
      0.4863195137
     -0.0804749168
     -0.4472465877
      0.0339355966
      0.0922986298
      0.0439123122
     -0.6969691761
     -0.0282640749
      0.2441306120
     -0.1249588265
     -0.4727078145
      0.2254089158
     -0.0793864704
      0.3782865796
      0.2834324754
     -0.5895500307
     -0.5571490155
      0.1794094360
      0.9100232544
     -0.3253857596
     -0.1665452843
      0.4655349080
     -0.5351325393
      0.7008445168
     -1.1065530220
      0.4267496068
     -0.3308378555
     -0.5057955869
     -0.0399894846
      0.3821752263
     -0.0931470174
     -0.3571082379
      0.1033188966
      0.5709096458
      0.4727434586
      0.6964463787
      0.1281852368
      0.0022799884
      0.2930551762
      0.0297083893
      0.1106343183
      0.2488640879
      0.0686607566
     -0.3523869897
     -0.3150756972
      0.3380578859
     -0.1701697935
      0.3840646075
     -0.5769991301
      0.1882417448
     -0.4660845723
     -0.5440001862
     -0.5401921853
     -0.3170433288
      0.4821844636
      0.1029530989
     -0.7736240262
      0.4179226979
     -0.2351542480
     -0.1647409962
     -0.2796659826
     -0.3061697925
      0.4251919716
      0.6168535378
      0.3644421143
      0.2862159689
      0.2415993220
      0.4004934415
     -0.5227539792
     -0.0867090868
      0.3684810544
     -0.3064531557
     -0.4192134260
     -0.1332376427
      0.2638666508
     -0.2708932712
      0.0736509699
      0.2941558722
     -0.0099278883
     -0.4720792198
      0.0127062930
      0.2296806098
      0.5098443394
     -0.2797526962
      0.2912290495
     -0.0710070928
     -0.6386002815
     -0.2482499309
      0.4669160338
     -0.0042564077
     -0.1496822077
     -0.2840034009
      0.6444160592
     -0.3090907649
     -0.6634942810
     -0.2676521072
     -0.2485847051
      0.3612629967
     -0.3393184429
     -0.2982182705
      0.3854323836
     -0.1663362692
     -0.5312218023
     -0.0955216415
     -0.0620326317
      0.0827992491
     -0.2153986281
     -0.0653205628
     -0.1942043227
      0.2408479804
     -0.2990033047
      0.5261081333
     -0.8316205626
     -0.1950668720
      0.0771221560
     -0.2625003416
      0.3055246212
     -0.3527307996
      0.0558091168
     -0.2763204695
      1.0463050320
      0.0787039010
     -0.1378843596
     -0.9142074763
      0.2222390420
     -0.3610341429
     -0.1197374483
      0.0013464026
      0.2752265605
     -0.2209932006
     -0.3487072668
     -0.3633380675
     -0.2906692354
     -0.1767428648
     -0.4547699264
     -0.5359031721
      0.2679064285
     -0.2412405213
     -0.4798275676
     -0.3573523881
      0.1586768099
      0.0111976472
     -0.4487662570
     -0.3992241507
      0.1068577894
      0.1156369169
     -0.2994289704
     -0.0771428636
      0.2188642370
      0.0228911322
     -0.0118678240
      0.4012409824
     -0.2677627544
      0.2484259864
     -0.1818161384
      0.0767987626
     -0.1927961451
      0.3939475729
      0.0117141168
      0.2988341578
     -0.4926411032
      0.3126908216
      0.5509219712
     -0.2375955715
     -0.1282905834
     -0.1633019537
      0.0070253666
      0.6322008757
      0.2116414391
     -0.2131754000
     -0.1542942348
     -0.4859789893
      0.6600080196
     -0.5137014829
      0.5038565798
     -0.3763497466
     -0.5363466804
     -0.2175599460
      0.3729038520
      0.1641435418
     -0.1996935682
      0.5900266995
      0.2730293688
      0.3673995012
     -0.4780195615
      0.0041472410
     -0.5614931075
      0.5929955251
      0.0276498949
     -0.1865516697
      0.3215515543
      0.4425943375
     -0.8067102632
      0.2047314976
     -0.0545691785
      0.4467489976
     -0.0747483506
      0.3035867597
     -0.2632443018
     -0.1042674403
     -0.5807496204
     -0.5807043537
      0.1853806631
      0.3183134718
      0.2428701972
      0.0197650031
      0.1223600869
      0.0298358635
      0.2422296381
      0.5213591340
      0.0430011185
     -0.3954062497
      0.4324786775
      0.3918487126
      0.0541107470
     -0.0234952558
      1.1741094840
      0.4601096304
     -0.0885454109
      0.1620052383
      0.0255903589
     -0.0248191988
     -0.2391032764
     -0.8306495931
     -0.0983040319
     -0.7285035573
     -0.0760242963
      0.2371681856
     -0.2209857365
      0.4548758835
      0.4131382890
     -0.0087928458
     -0.6426428000
     -0.4250599360
      0.1163486124
     -0.3328767056
     -0.0889084890
      0.3503602264
      0.3011601494
      0.4494551225
     -0.2781886528
     -0.1680309948
     -0.1122357925
      0.2476637939
      0.3979243378
      0.1449631781
     -0.3885050889
     -0.1268687712
      0.1265845246
     -0.5011415773
      0.6639920174
      0.3448544130
     -0.5625011214
      0.4201485652
     -0.3206191828
     -0.1177910955
     -0.5882047016
      0.1666923930
      0.4474531835
      0.3168276324
     -0.1641090220
      0.1222943509
     -0.4857857558
      0.0991847352
      0.2635991334
      0.5900212656
      0.5063054514
     -0.1020474947
      0.7215776039
     -0.7514262535
     -0.8930675788
     -0.6954187585
     -0.4311766601
      0.4312889055
     -0.3922900456
     -0.4267302198
     -0.2632683649
     -0.0692636062
      0.5206837732
     -0.2713834916
     -0.0677150061
      0.0992188096
     -0.1631875227
     -0.1110525125
     -0.2309780837
     -0.6379551533
     -0.6060492655
     -0.1643563539
     -0.7883951690
      0.4589797939
     -0.1549829870
     -0.0739094898
     -0.2222653950
     -0.0593520143
      0.5775205608
      0.0537444471
     -0.7318586607
      0.4318950459
     -0.1065926163
      0.2499415505
     -0.3279313207
     -0.7443864856
      0.3819004614
     -0.1080488562
     -0.3217122740
      0.0796145795
     -0.3990517946
      0.4966337580
     -0.6014199091
     -0.1690655788
     -0.2178538364
     -0.3425274775
      1.2634931394
      0.2759490747
     -0.5344866881
      0.5917132623
     -0.4454654348
     -0.2798114770
     -0.1277303820
     -0.3656904358
     -0.4662528341
     -0.3650665289
     -0.1861126528
     -0.2099585179
      0.0147072078
     -0.2941597461
      0.0491455014
      0.4666094673
     -0.3967703361
     -0.0721295182
      0.0117061384
      0.1452655555
     -0.4468333005
      0.5059173510
     -0.0703439788
      0.0004058824
     -0.0096976934
     -0.4033764258
      0.3390571009
     -0.1588645981
     -0.3106237813
     -0.7100293815
      0.2193406699
     -0.6391155821
     -0.1885909435
      0.5793888415
      0.5277232383
     -0.3012106656
     -0.9201368668
      0.4065546736
     -0.3571355073
     -0.9517842748
     -0.3479154752
     -0.4775684684
      0.8094212039
      0.3171558578
      1.1693718432
     -0.1253318646
      0.5425329259
      0.5872817863
     -0.6045340238
     -0.6586900595
     -1.3505951349
     -1.5683853600
      0.7460240777
     -0.8482961911
      0.2123022040
      0.1936734306
      1.5678080341
     -0.0795866749
      0.0600150759
      0.0185889534
      0.0613266636
     -0.0435624514
     -0.1103298325
      0.1057762988
     -0.0682943190
      0.1544149864
      0.0308905547
     -0.0414924489
      0.1515076114
      0.0246048594
      0.1495913602
      0.0712430040
      0.3152390932
     -0.0185579987
     -0.2441337442
      0.0333202765
     -0.0955317152
     -0.0829353213
      0.0745456684
     -0.0320216460
      0.0234491978
     -0.0063808221
     -0.0751177989
