################################################################################
# Neural network connection values (weights and biases).
################################################################################
# Col  Name       Description
################################################################################
# 1    connection Neural network connection value.
# 2    t          Connection type (a = weight, b = bias).
# 3    index      Index enumerating weights.
# 4    l_s        Starting point layer (end point layer for biases).
# 5    n_s        Starting point neuron in starting layer (end point neuron for biases).
# 6    l_e        End point layer.
# 7    n_e        End point neuron in end layer.
################################################################################
#                      1 2         3     4     5     6     7
#             connection t     index   l_s   n_s   l_e   n_e
############################################################
  6.4198943241393263E+00 a         1     0     1     1     1
 -7.2352960815489844E+00 a         2     0     1     1     2
  3.3386534663480045E+00 a         3     0     1     1     3
 -4.6387911932348951E+00 a         4     0     1     1     4
  9.7263593299571252E+00 a         5     0     1     1     5
  1.8071440753597587E+00 a         6     0     1     1     6
 -7.2809931175117777E+00 a         7     0     1     1     7
  5.4561360093790856E-01 a         8     0     1     1     8
 -3.3483674342384102E+00 a         9     0     1     1     9
  2.1398078361304953E+00 a        10     0     1     1    10
  1.0276393417962618E+01 a        11     0     1     1    11
 -1.8305412051996266E+00 a        12     0     1     1    12
  3.7613345764961053E+00 a        13     0     1     1    13
  8.7457392008085062E+00 a        14     0     1     1    14
 -7.0015440443780150E+00 a        15     0     1     1    15
 -6.5755782338637891E-01 a        16     0     1     1    16
 -5.1694194151566499E+00 a        17     0     1     1    17
 -2.5035091876283815E+00 a        18     0     1     1    18
  6.0454602661135826E-01 a        19     0     1     1    19
  8.9471533771209655E-01 a        20     0     1     1    20
 -3.8597009270668279E+00 a        21     0     1     1    21
 -5.6717159687283960E+00 a        22     0     1     1    22
 -1.3377256519601136E+01 a        23     0     1     1    23
 -3.7344446051244540E+00 a        24     0     1     1    24
  2.6918260420300171E+00 a        25     0     2     1     1
 -8.6249885373237110E+00 a        26     0     2     1     2
 -1.4405356600292019E+00 a        27     0     2     1     3
 -1.9009118110632921E+00 a        28     0     2     1     4
  1.8484901569784102E+00 a        29     0     2     1     5
  8.7394418208318267E+00 a        30     0     2     1     6
 -6.3898731150847166E-01 a        31     0     2     1     7
  4.3827374583677257E+00 a        32     0     2     1     8
  1.7018263759076611E+00 a        33     0     2     1     9
  3.3413681553062955E+00 a        34     0     2     1    10
 -2.8230193514885422E+00 a        35     0     2     1    11
 -2.9255203553169501E-01 a        36     0     2     1    12
  7.7374643789475863E+00 a        37     0     2     1    13
  2.5892389670785825E+00 a        38     0     2     1    14
  6.7256402857627373E-01 a        39     0     2     1    15
  1.0782777122582963E+00 a        40     0     2     1    16
  6.0981510696331698E-01 a        41     0     2     1    17
 -2.2521913126172364E+00 a        42     0     2     1    18
 -8.4494287901285503E+00 a        43     0     2     1    19
  1.7642027705107046E+00 a        44     0     2     1    20
 -4.7025123283543513E+00 a        45     0     2     1    21
 -1.6709099149101669E+00 a        46     0     2     1    22
 -4.0082784808793237E+00 a        47     0     2     1    23
 -2.5461800029367581E+00 a        48     0     2     1    24
 -2.7073855284239738E+00 a        49     0     3     1     1
  1.4876164599001451E+00 a        50     0     3     1     2
 -4.2093853320209789E+00 a        51     0     3     1     3
 -2.3079080378881702E+00 a        52     0     3     1     4
 -2.8084311318191131E+00 a        53     0     3     1     5
  2.7385940637541060E+00 a        54     0     3     1     6
 -1.2460479511953495E+00 a        55     0     3     1     7
  3.6338839397517622E+00 a        56     0     3     1     8
 -4.3168944626372943E+00 a        57     0     3     1     9
 -4.8721966985173160E-01 a        58     0     3     1    10
  1.0891233624102223E+00 a        59     0     3     1    11
  9.8440522151307075E-01 a        60     0     3     1    12
  3.1887441740805542E+00 a        61     0     3     1    13
  2.1743644568005829E+00 a        62     0     3     1    14
 -9.2910508377079692E-01 a        63     0     3     1    15
 -1.8076003788529722E+00 a        64     0     3     1    16
 -3.5289390641462242E+00 a        65     0     3     1    17
  1.8018924921365325E+00 a        66     0     3     1    18
 -7.4162082954421633E+00 a        67     0     3     1    19
  8.3061529642933751E-01 a        68     0     3     1    20
  1.6353909512470219E+00 a        69     0     3     1    21
 -1.1218810935758332E+00 a        70     0     3     1    22
 -4.0309596231618370E+00 a        71     0     3     1    23
 -1.6508199717810423E+00 a        72     0     3     1    24
 -6.5732918502848374E+00 a        73     0     4     1     1
  6.0761244223158224E+00 a        74     0     4     1     2
 -5.6815943214048419E+00 a        75     0     4     1     3
  4.3029322087834148E+00 a        76     0     4     1     4
 -9.5989909159039950E+00 a        77     0     4     1     5
 -4.8359634116848236E+00 a        78     0     4     1     6
  5.2836825317317135E+00 a        79     0     4     1     7
 -1.3612327274674541E+00 a        80     0     4     1     8
  4.6114165623399082E+00 a        81     0     4     1     9
 -3.9838407156163367E+00 a        82     0     4     1    10
 -1.1885894980219385E+01 a        83     0     4     1    11
  2.7067893145573532E+00 a        84     0     4     1    12
 -3.0928370150513436E+00 a        85     0     4     1    13
 -6.9055401524581077E+00 a        86     0     4     1    14
  5.9441195256004526E+00 a        87     0     4     1    15
  2.0686737158793536E+00 a        88     0     4     1    16
  3.8968029149879455E+00 a        89     0     4     1    17
  2.9553222975569295E+00 a        90     0     4     1    18
 -2.8619977569426269E+00 a        91     0     4     1    19
 -4.3326639507746991E+00 a        92     0     4     1    20
  4.2450498012463731E+00 a        93     0     4     1    21
  7.3020287236935806E+00 a        94     0     4     1    22
  1.1835887154744007E+01 a        95     0     4     1    23
  2.6677781042447952E+00 a        96     0     4     1    24
 -2.3866359713281362E+00 a        97     0     5     1     1
  1.2070237961184311E+01 a        98     0     5     1     2
  2.2599418674046419E+00 a        99     0     5     1     3
  4.1756797659177769E+00 a       100     0     5     1     4
 -1.3659863842630433E+00 a       101     0     5     1     5
 -8.9760183301441483E+00 a       102     0     5     1     6
  6.4167138557846326E-01 a       103     0     5     1     7
 -8.0000439789173257E+00 a       104     0     5     1     8
 -3.6175498448115535E+00 a       105     0     5     1     9
 -2.9260541031235170E+00 a       106     0     5     1    10
  5.7606135241067973E+00 a       107     0     5     1    11
  1.5006834090828793E+00 a       108     0     5     1    12
 -5.1675328656030715E+00 a       109     0     5     1    13
 -1.0246909673590394E+00 a       110     0     5     1    14
 -4.0582984209972262E+00 a       111     0     5     1    15
 -3.0109093659333919E-01 a       112     0     5     1    16
 -8.2812797622370621E-02 a       113     0     5     1    17
  6.8324960070636918E+00 a       114     0     5     1    18
  1.1052820463133539E+01 a       115     0     5     1    19
 -3.7959088945255690E+00 a       116     0     5     1    20
  5.8851604276810257E+00 a       117     0     5     1    21
  3.4782294356669849E+00 a       118     0     5     1    22
  4.9621878895776064E+00 a       119     0     5     1    23
  4.2433690036496046E+00 a       120     0     5     1    24
  1.9289883756548445E+00 a       121     0     6     1     1
 -5.0578125509308491E-01 a       122     0     6     1     2
  1.6813636185789087E+00 a       123     0     6     1     3
 -3.6541760103480081E-01 a       124     0     6     1     4
  2.4481091603314393E+00 a       125     0     6     1     5
  1.8048407516773652E+00 a       126     0     6     1     6
 -9.6151757459969955E-01 a       127     0     6     1     7
  4.5486447644747574E-01 a       128     0     6     1     8
 -1.5458590636684313E+00 a       129     0     6     1     9
  1.4999946340723818E+00 a       130     0     6     1    10
  2.7782971519841704E+00 a       131     0     6     1    11
 -7.1179655585456147E-01 a       132     0     6     1    12
  7.5692093808547678E-01 a       133     0     6     1    13
  4.4268906650673817E-01 a       134     0     6     1    14
 -1.0730230595134416E+00 a       135     0     6     1    15
 -1.1077762225618302E+00 a       136     0     6     1    16
 -4.4134778828694632E-01 a       137     0     6     1    17
 -5.3814425495350227E-01 a       138     0     6     1    18
  8.5282802542709213E-01 a       139     0     6     1    19
  1.2942180465949722E+00 a       140     0     6     1    20
 -9.4992328412315408E-01 a       141     0     6     1    21
 -1.7540508819941436E+00 a       142     0     6     1    22
 -1.6258308546535918E+00 a       143     0     6     1    23
 -1.8885021024238860E-01 a       144     0     6     1    24
  1.9603960595738814E+00 a       145     0     7     1     1
 -1.7679780848522202E+00 a       146     0     7     1     2
  1.3997232682635503E+00 a       147     0     7     1     3
  1.0017892915729816E+00 a       148     0     7     1     4
  1.7827623869334854E+00 a       149     0     7     1     5
 -1.1476417739665561E-02 a       150     0     7     1     6
  9.4072602155533602E-01 a       151     0     7     1     7
 -3.0990275132544687E+00 a       152     0     7     1     8
  1.6554991553223506E+00 a       153     0     7     1     9
 -5.9638396138802263E-01 a       154     0     7     1    10
 -2.5259018555847450E+00 a       155     0     7     1    11
 -1.2052980743938979E+00 a       156     0     7     1    12
  6.3451553198314736E-01 a       157     0     7     1    13
  3.1699324181526112E-01 a       158     0     7     1    14
  1.1745501501392657E+00 a       159     0     7     1    15
  7.7122704422218996E-02 a       160     0     7     1    16
  8.6194330709361744E-01 a       161     0     7     1    17
  7.6791200913891522E-01 a       162     0     7     1    18
  1.1208863810927225E+00 a       163     0     7     1    19
 -3.2676564586454604E-01 a       164     0     7     1    20
 -1.0257912065069943E+00 a       165     0     7     1    21
  4.5054531032539874E-01 a       166     0     7     1    22
  5.4710477264255697E-01 a       167     0     7     1    23
 -1.2699910434931567E+00 a       168     0     7     1    24
  3.2855475696679624E+00 a       169     0     8     1     1
 -6.3108511794785702E+00 a       170     0     8     1     2
 -1.7150248416618752E+00 a       171     0     8     1     3
 -1.1821616819670360E+00 a       172     0     8     1     4
  8.2675810944652303E-02 a       173     0     8     1     5
  2.6745834574113578E+00 a       174     0     8     1     6
 -2.6550073320339440E-01 a       175     0     8     1     7
  5.4460105069266262E+00 a       176     0     8     1     8
  1.2406063664137863E+00 a       177     0     8     1     9
  1.9196666337266843E+00 a       178     0     8     1    10
 -3.9661326103043981E+00 a       179     0     8     1    11
 -1.1413735599004129E+00 a       180     0     8     1    12
  1.3244392044969536E-01 a       181     0     8     1    13
 -2.7959273518565553E+00 a       182     0     8     1    14
  3.5402970366863378E+00 a       183     0     8     1    15
 -3.5235762626717606E+00 a       184     0     8     1    16
  1.2822632298626144E-01 a       185     0     8     1    17
 -8.2285081991115625E+00 a       186     0     8     1    18
 -6.0812068435355711E+00 a       187     0     8     1    19
  1.8464856700895278E+00 a       188     0     8     1    20
 -1.5019321921387287E+00 a       189     0     8     1    21
 -3.2135537778675167E+00 a       190     0     8     1    22
  2.3947172708973548E+00 a       191     0     8     1    23
 -7.0638758866293316E-01 a       192     0     8     1    24
 -3.4892304525902569E+00 a       193     0     9     1     1
  1.5671082216312215E+00 a       194     0     9     1     2
  2.0037149800064484E+00 a       195     0     9     1     3
  8.7869480386486796E+00 a       196     0     9     1     4
 -1.2675408112173429E+01 a       197     0     9     1     5
 -6.0905508505893851E+00 a       198     0     9     1     6
  9.2377588189377917E+00 a       199     0     9     1     7
 -2.4537436976852178E+00 a       200     0     9     1     8
 -4.6784505248990431E+00 a       201     0     9     1     9
  4.7626500108423331E+00 a       202     0     9     1    10
 -4.2715416107708144E+00 a       203     0     9     1    11
 -2.4364715830110923E+00 a       204     0     9     1    12
 -1.5171272085991130E+00 a       205     0     9     1    13
  1.2410201430132910E+00 a       206     0     9     1    14
  7.6608913768310209E+00 a       207     0     9     1    15
 -3.5223535684021847E+00 a       208     0     9     1    16
  7.0145972570969093E+00 a       209     0     9     1    17
 -2.9800350858085349E+00 a       210     0     9     1    18
  3.5170024349136022E+00 a       211     0     9     1    19
 -1.8097197946395804E+00 a       212     0     9     1    20
  5.6005502338453939E+00 a       213     0     9     1    21
 -3.3996452395600461E+00 a       214     0     9     1    22
  3.2943335100443525E+00 a       215     0     9     1    23
  9.1957687704722968E-01 a       216     0     9     1    24
 -5.0889031528233870E+00 a       217     0    10     1     1
  1.1920977042365905E+01 a       218     0    10     1     2
  6.8191835073643041E+00 a       219     0    10     1     3
 -7.2192453437500097E+00 a       220     0    10     1     4
 -9.4734385763140221E+00 a       221     0    10     1     5
 -1.7464029010078260E+01 a       222     0    10     1     6
  1.5291344991732747E+00 a       223     0    10     1     7
  4.1866622971936716E+00 a       224     0    10     1     8
  1.1856973472581627E+00 a       225     0    10     1     9
 -4.5784975931208267E+00 a       226     0    10     1    10
  7.8128875648922786E+00 a       227     0    10     1    11
  4.8498984271109444E+00 a       228     0    10     1    12
 -1.5603919904286725E+01 a       229     0    10     1    13
 -9.3244571714756379E+00 a       230     0    10     1    14
  4.9405211722100804E+00 a       231     0    10     1    15
 -3.1230672614577553E+00 a       232     0    10     1    16
 -1.6251846170461051E+00 a       233     0    10     1    17
 -9.5273226140794121E-01 a       234     0    10     1    18
 -5.5203092672574918E+00 a       235     0    10     1    19
 -6.6998523732513759E-01 a       236     0    10     1    20
  9.1263699517522545E-01 a       237     0    10     1    21
  3.3144839907496997E+00 a       238     0    10     1    22
 -6.4306727013206033E-01 a       239     0    10     1    23
  3.5601441609104492E+00 a       240     0    10     1    24
  9.5097639661640088E+00 a       241     0    11     1     1
 -1.0561183861651502E+00 a       242     0    11     1     2
  4.6624297445893745E+00 a       243     0    11     1     3
  1.9695735488009567E+00 a       244     0    11     1     4
  1.4271821015937574E+01 a       245     0    11     1     5
  9.2418324786422690E-01 a       246     0    11     1     6
  1.3158789090790308E+00 a       247     0    11     1     7
  2.6863600536597341E+00 a       248     0    11     1     8
  5.2430965155480589E+00 a       249     0    11     1     9
  6.0870412897361952E+00 a       250     0    11     1    10
  6.4662309240088567E-01 a       251     0    11     1    11
  1.9657476962110113E+01 a       252     0    11     1    12
 -9.6068955665722786E+00 a       253     0    11     1    13
 -2.3078719017450635E+00 a       254     0    11     1    14
  3.8585888423041079E+00 a       255     0    11     1    15
 -1.7963843233959520E+00 a       256     0    11     1    16
 -3.4429965369819876E-01 a       257     0    11     1    17
 -1.4550368880877155E+01 a       258     0    11     1    18
  1.0587789873679542E+01 a       259     0    11     1    19
  1.7613818212814514E+00 a       260     0    11     1    20
  6.3697225867847829E-01 a       261     0    11     1    21
  9.7223856833241236E+00 a       262     0    11     1    22
  9.9923554788185986E-01 a       263     0    11     1    23
  1.5110178225297901E+01 a       264     0    11     1    24
  3.0959055247538213E+01 a       265     0    12     1     1
  1.1760649904129741E+01 a       266     0    12     1     2
 -7.5728444390506446E+00 a       267     0    12     1     3
 -8.9164002415926156E+00 a       268     0    12     1     4
 -6.6748481878014543E+00 a       269     0    12     1     5
  3.4504862231659064E+00 a       270     0    12     1     6
  1.0204357549257736E+01 a       271     0    12     1     7
 -1.2004169147063530E+01 a       272     0    12     1     8
  5.1320477716183479E+00 a       273     0    12     1     9
 -1.4477794253103191E+01 a       274     0    12     1    10
 -5.9746800567959495E+00 a       275     0    12     1    11
 -1.1380405685642586E+01 a       276     0    12     1    12
 -5.8875831738700599E+00 a       277     0    12     1    13
 -1.1124452616831391E+01 a       278     0    12     1    14
  1.0634967188421525E+01 a       279     0    12     1    15
 -6.2482292857399457E+00 a       280     0    12     1    16
  1.2848832084926684E+01 a       281     0    12     1    17
 -1.3028431603228208E+01 a       282     0    12     1    18
  4.5654176429644160E+00 a       283     0    12     1    19
  1.1657030024323202E+01 a       284     0    12     1    20
 -2.4883116766483422E+01 a       285     0    12     1    21
 -4.7618490214489153E+00 a       286     0    12     1    22
 -7.8373459857628880E-01 a       287     0    12     1    23
 -8.7199725112594457E+00 a       288     0    12     1    24
 -7.7625982366567892E-01 a       289     0    13     1     1
  5.0450368567969290E+00 a       290     0    13     1     2
 -2.1614773556514826E+00 a       291     0    13     1     3
  1.5151665870732065E-01 a       292     0    13     1     4
 -3.6681207914189224E+00 a       293     0    13     1     5
  6.8858810268100390E+00 a       294     0    13     1     6
 -2.1619183352892568E+00 a       295     0    13     1     7
  8.0296956604101100E-01 a       296     0    13     1     8
 -4.7291905376354961E+00 a       297     0    13     1     9
 -5.9653195437917637E+00 a       298     0    13     1    10
  1.3627019104081963E+01 a       299     0    13     1    11
  3.2809698379552086E+00 a       300     0    13     1    12
  1.0355488923627000E+01 a       301     0    13     1    13
 -4.0201240650818209E+00 a       302     0    13     1    14
  4.2498171137135490E+00 a       303     0    13     1    15
 -7.4592858210229060E+00 a       304     0    13     1    16
  4.3019871802391645E+00 a       305     0    13     1    17
 -6.1411040230834582E+00 a       306     0    13     1    18
 -9.8226862031233573E+00 a       307     0    13     1    19
  6.8391381430237406E+00 a       308     0    13     1    20
 -1.1222413694830053E+01 a       309     0    13     1    21
 -8.6702775148944067E+00 a       310     0    13     1    22
 -5.3422943713916746E+00 a       311     0    13     1    23
 -1.2304427702164990E+01 a       312     0    13     1    24
 -4.3903391405399876E+00 a       313     0    14     1     1
  1.3998462779311345E+00 a       314     0    14     1     2
  4.0768224113004683E+00 a       315     0    14     1     3
 -1.6990379189081235E+00 a       316     0    14     1     4
 -1.7349111680753853E+00 a       317     0    14     1     5
  3.4998908825012380E+00 a       318     0    14     1     6
 -3.7820913346181539E+00 a       319     0    14     1     7
  3.4964548527815391E+00 a       320     0    14     1     8
 -3.4990445724360586E+00 a       321     0    14     1     9
  5.2249415389737237E+00 a       322     0    14     1    10
  6.4623021295160266E+00 a       323     0    14     1    11
  1.1329278886098559E+00 a       324     0    14     1    12
  8.9287807815038640E+00 a       325     0    14     1    13
  7.2466613387036016E+00 a       326     0    14     1    14
 -3.1069998937171279E+00 a       327     0    14     1    15
 -7.0184033731977347E-01 a       328     0    14     1    16
  3.3554492588872852E-02 a       329     0    14     1    17
  3.0350619369936855E+00 a       330     0    14     1    18
 -4.3019588219894613E+00 a       331     0    14     1    19
  9.3347768847985302E-01 a       332     0    14     1    20
 -1.3444746682044255E+00 a       333     0    14     1    21
  6.6299746842797191E-01 a       334     0    14     1    22
 -1.6651330647052309E+00 a       335     0    14     1    23
 -9.3433220374170700E-01 a       336     0    14     1    24
  4.4108780576679450E+01 a       337     0    15     1     1
 -9.8184450793250431E+00 a       338     0    15     1     2
  6.2843267577417414E+00 a       339     0    15     1     3
  3.9656941372991557E+00 a       340     0    15     1     4
  1.4416064686221995E+01 a       341     0    15     1     5
  5.1871646596721801E+00 a       342     0    15     1     6
  2.4872851721266782E+00 a       343     0    15     1     7
 -2.8636928973344591E+00 a       344     0    15     1     8
  5.5145802499908969E+00 a       345     0    15     1     9
 -4.4062305780024715E+00 a       346     0    15     1    10
  1.0854563615863329E+01 a       347     0    15     1    11
 -3.0399849368302383E+00 a       348     0    15     1    12
  3.3715914632268462E+00 a       349     0    15     1    13
  9.8261975056685333E+00 a       350     0    15     1    14
 -3.0023392345966915E+00 a       351     0    15     1    15
 -8.7422693021286140E+00 a       352     0    15     1    16
  8.6719649582818459E+00 a       353     0    15     1    17
 -7.5694750681645342E+00 a       354     0    15     1    18
  1.5621153753138731E+01 a       355     0    15     1    19
 -3.5539210160399723E+00 a       356     0    15     1    20
 -1.1498385492029337E+01 a       357     0    15     1    21
 -1.1462323972115740E+01 a       358     0    15     1    22
 -1.1086825175953456E+00 a       359     0    15     1    23
 -1.3233279383502443E+00 a       360     0    15     1    24
  5.5040331499980044E-01 a       361     0    16     1     1
 -3.0103919210848679E-01 a       362     0    16     1     2
 -1.1824893325468087E+00 a       363     0    16     1     3
  1.0209276159552914E+00 a       364     0    16     1     4
 -3.7965046557822324E-01 a       365     0    16     1     5
  4.7716694208303434E-01 a       366     0    16     1     6
 -7.6123613160424830E-01 a       367     0    16     1     7
 -1.2140833715928900E+00 a       368     0    16     1     8
 -1.8347435432785022E-02 a       369     0    16     1     9
 -2.2833439747870343E-01 a       370     0    16     1    10
  1.2025163092386506E+00 a       371     0    16     1    11
  7.2600798735378469E-01 a       372     0    16     1    12
  3.9734183306104609E+00 a       373     0    16     1    13
  1.0954932128013057E+00 a       374     0    16     1    14
 -1.1817028544960833E+00 a       375     0    16     1    15
  5.6547902085688084E-01 a       376     0    16     1    16
 -1.6578919421721054E+00 a       377     0    16     1    17
  1.1665533385247382E+00 a       378     0    16     1    18
 -1.8236299319080045E+00 a       379     0    16     1    19
  1.8149190479142647E+00 a       380     0    16     1    20
 -9.0770348637428633E-01 a       381     0    16     1    21
  1.6528798509058829E-01 a       382     0    16     1    22
 -2.2672699168288348E+00 a       383     0    16     1    23
 -2.8528791567742520E+00 a       384     0    16     1    24
 -1.3678416395547583E+00 a       385     0    17     1     1
  6.9757522461825694E-01 a       386     0    17     1     2
  3.3905189117770869E+00 a       387     0    17     1     3
  1.0970323405322684E+00 a       388     0    17     1     4
  3.3717183340421208E-01 a       389     0    17     1     5
  1.8027733047635883E+00 a       390     0    17     1     6
 -3.3892186690748773E+00 a       391     0    17     1     7
  6.0834073762008312E-01 a       392     0    17     1     8
 -1.9083537457227349E+00 a       393     0    17     1     9
  3.9705877102578566E+00 a       394     0    17     1    10
  1.7571767645806827E-01 a       395     0    17     1    11
  1.6231609372472816E-01 a       396     0    17     1    12
  5.4345144184774874E+00 a       397     0    17     1    13
  3.9837282762024153E+00 a       398     0    17     1    14
 -3.5734458641465383E+00 a       399     0    17     1    15
  1.3005244498983211E+00 a       400     0    17     1    16
 -3.8350195193566489E-01 a       401     0    17     1    17
  5.3304096643055265E+00 a       402     0    17     1    18
  2.5546090420025053E-01 a       403     0    17     1    19
  2.5923713887497462E+00 a       404     0    17     1    20
 -6.8281787227184032E-01 a       405     0    17     1    21
  9.1631800636864258E-01 a       406     0    17     1    22
 -1.2154408888044721E+00 a       407     0    17     1    23
 -1.6933743868483904E+00 a       408     0    17     1    24
  5.5381878497945554E+00 a       409     0    18     1     1
  2.8155991422548454E-01 a       410     0    18     1     2
  4.8731142247920400E-01 a       411     0    18     1     3
 -7.4187802848875073E-01 a       412     0    18     1     4
  2.0094269937272942E+00 a       413     0    18     1     5
 -3.0730772095315040E-01 a       414     0    18     1     6
 -2.8096601691259617E+00 a       415     0    18     1     7
  2.0027114536124024E+00 a       416     0    18     1     8
 -1.6724947069873985E+00 a       417     0    18     1     9
 -1.0439863556888567E+00 a       418     0    18     1    10
  3.7118116668239132E-01 a       419     0    18     1    11
  1.3396278921659970E+00 a       420     0    18     1    12
  2.2285190821044809E+00 a       421     0    18     1    13
  2.9150694953138778E+00 a       422     0    18     1    14
  5.9293387046558466E-01 a       423     0    18     1    15
 -1.5784436155099728E+00 a       424     0    18     1    16
 -1.1614156044548833E+00 a       425     0    18     1    17
  1.4751332897738185E+00 a       426     0    18     1    18
  1.1296806764529050E+00 a       427     0    18     1    19
 -1.4159604154344618E+00 a       428     0    18     1    20
 -2.5898193706431388E-01 a       429     0    18     1    21
 -1.6192946927987475E+00 a       430     0    18     1    22
 -4.1319725458416663E+00 a       431     0    18     1    23
 -2.3732478191274833E+00 a       432     0    18     1    24
  5.2007866772681046E+00 a       433     0    19     1     1
  1.0102546571085364E+01 a       434     0    19     1     2
 -1.1777731738236930E+00 a       435     0    19     1     3
 -2.0202551041288768E+01 a       436     0    19     1     4
  1.1506013405625335E+01 a       437     0    19     1     5
  1.3324039792959901E+01 a       438     0    19     1     6
 -9.7905082439799500E+00 a       439     0    19     1     7
  7.7347699166266128E+00 a       440     0    19     1     8
  3.3916282642521054E+00 a       441     0    19     1     9
 -9.9749492695839130E+00 a       442     0    19     1    10
  1.1319792478870706E+01 a       443     0    19     1    11
  9.9299042285286419E+00 a       444     0    19     1    12
 -5.6314475160330009E+00 a       445     0    19     1    13
 -9.1496040716951281E+00 a       446     0    19     1    14
 -1.0303312100751318E+01 a       447     0    19     1    15
 -1.1913743370977403E+00 a       448     0    19     1    16
 -9.5315941880244370E+00 a       449     0    19     1    17
 -1.0899779510897021E+00 a       450     0    19     1    18
 -6.1768597111223036E+00 a       451     0    19     1    19
  3.5101551298879499E+00 a       452     0    19     1    20
 -8.3721470523356913E+00 a       453     0    19     1    21
  4.2862430324235401E+00 a       454     0    19     1    22
  1.1066083118668145E+01 a       455     0    19     1    23
  9.3681634835459278E+00 a       456     0    19     1    24
  1.6965895370474396E+01 a       457     0    20     1     1
 -1.0574510092314469E+01 a       458     0    20     1     2
 -1.1687661684690674E+01 a       459     0    20     1     3
  2.3552139552096648E+01 a       460     0    20     1     4
  6.4560794626844684E+00 a       461     0    20     1     5
  1.3289277895369354E+01 a       462     0    20     1     6
 -4.6785801415775163E-01 a       463     0    20     1     7
 -7.0934773880721824E+00 a       464     0    20     1     8
 -8.6910540758249422E+00 a       465     0    20     1     9
  8.0122868048384621E+00 a       466     0    20     1    10
 -1.6273743745431410E+01 a       467     0    20     1    11
 -2.3681523114065337E+00 a       468     0    20     1    12
  2.5041024729327521E+00 a       469     0    20     1    13
  8.9109129355056336E+00 a       470     0    20     1    14
 -7.6677659391018409E+00 a       471     0    20     1    15
  2.9311570471025821E+00 a       472     0    20     1    16
  2.4756935813336378E-02 a       473     0    20     1    17
 -1.2176913501767123E+01 a       474     0    20     1    18
  2.4148204223981519E+01 a       475     0    20     1    19
 -1.0808697990891048E+01 a       476     0    20     1    20
  1.5188897177229444E+01 a       477     0    20     1    21
 -1.2376997882736505E+01 a       478     0    20     1    22
  1.7644417465300737E+01 a       479     0    20     1    23
  8.7221203704587591E+00 a       480     0    20     1    24
 -5.4572201440443395E+00 a       481     0    21     1     1
 -6.3292389361941943E+00 a       482     0    21     1     2
  3.6504048817899988E+00 a       483     0    21     1     3
  1.5507310415811006E+00 a       484     0    21     1     4
 -3.5958826631439585E+01 a       485     0    21     1     5
 -4.9145276938620812E+00 a       486     0    21     1     6
  1.1598527528157854E+01 a       487     0    21     1     7
  1.8121049609865172E+00 a       488     0    21     1     8
  3.5246757157646611E+00 a       489     0    21     1     9
 -1.3223332359720478E+01 a       490     0    21     1    10
  1.5977923987367579E+00 a       491     0    21     1    11
 -4.2713843680861828E+01 a       492     0    21     1    12
  3.1478431708813854E+00 a       493     0    21     1    13
 -9.5389438417243131E+00 a       494     0    21     1    14
  2.0149023216850952E+00 a       495     0    21     1    15
  1.3921865202197205E+01 a       496     0    21     1    16
  1.3605254347710973E+01 a       497     0    21     1    17
  1.5670292888167685E+01 a       498     0    21     1    18
 -1.4894918214109885E+00 a       499     0    21     1    19
 -7.0332331776119315E+00 a       500     0    21     1    20
 -3.2438720996850798E+00 a       501     0    21     1    21
 -2.0740159257573509E+01 a       502     0    21     1    22
  1.8248799078194484E+01 a       503     0    21     1    23
 -9.0732179454161308E+00 a       504     0    21     1    24
 -1.9837870007549474E+00 a       505     0    22     1     1
 -6.5338663940736819E+00 a       506     0    22     1     2
  1.1356182826494838E+00 a       507     0    22     1     3
  7.5567596223081139E+00 a       508     0    22     1     4
 -9.5712413989084122E-01 a       509     0    22     1     5
 -6.8977246205227960E+00 a       510     0    22     1     6
  4.8993380966139028E+00 a       511     0    22     1     7
 -5.1370538938554899E+00 a       512     0    22     1     8
  6.3770066613469545E-01 a       513     0    22     1     9
  5.8105179767527622E+00 a       514     0    22     1    10
 -8.6224106667073475E+00 a       515     0    22     1    11
 -7.0558589579440945E+00 a       516     0    22     1    12
 -2.4302032371900291E+00 a       517     0    22     1    13
  5.3101848588645790E+00 a       518     0    22     1    14
  2.4743364168436806E+00 a       519     0    22     1    15
  2.2320091348474036E+00 a       520     0    22     1    16
  4.8489151682662266E+00 a       521     0    22     1    17
  3.8498472066478433E+00 a       522     0    22     1    18
  8.2475737798216251E+00 a       523     0    22     1    19
 -8.6797259203251675E-01 a       524     0    22     1    20
  6.2814180144074641E+00 a       525     0    22     1    21
  2.7492691695422933E-01 a       526     0    22     1    22
 -1.1002181809536236E+00 a       527     0    22     1    23
 -3.8797636452819878E-01 a       528     0    22     1    24
 -3.8097074759372163E+01 a       529     0    23     1     1
 -1.3533499186293271E+01 a       530     0    23     1     2
  9.8034020947631788E+00 a       531     0    23     1     3
 -1.0724831262335277E+00 a       532     0    23     1     4
  5.4872598371827088E+00 a       533     0    23     1     5
 -1.2337607546178532E+01 a       534     0    23     1     6
 -7.0837153913709603E+00 a       535     0    23     1     7
  1.3948485711071623E+01 a       536     0    23     1     8
  4.0409225819332137E+00 a       537     0    23     1     9
  5.8483731993400685E+00 a       538     0    23     1    10
  1.3210278064009875E+01 a       539     0    23     1    11
  1.2420021254491289E+01 a       540     0    23     1    12
 -4.4015080107026820E+00 a       541     0    23     1    13
  3.3945446317053665E+00 a       542     0    23     1    14
 -4.1166336216211539E+00 a       543     0    23     1    15
  6.9973621325714630E+00 a       544     0    23     1    16
 -1.1714157372925561E+01 a       545     0    23     1    17
  1.1595653965681835E+01 a       546     0    23     1    18
 -1.3968847011050771E+01 a       547     0    23     1    19
 -6.4936390790821727E+00 a       548     0    23     1    20
  1.9991609786503300E+01 a       549     0    23     1    21
  6.9429213740324149E+00 a       550     0    23     1    22
 -5.1791529697763696E+00 a       551     0    23     1    23
  9.4705199090609238E+00 a       552     0    23     1    24
 -1.7668806057233045E+01 a       553     0    24     1     1
 -3.8816192408187966E-01 a       554     0    24     1     2
 -2.6515484404663323E+00 a       555     0    24     1     3
 -3.3205042609349662E+00 a       556     0    24     1     4
  9.0792698934725866E+00 a       557     0    24     1     5
  3.0147903676516403E+00 a       558     0    24     1     6
  5.6270313839908798E-02 a       559     0    24     1     7
 -4.3461040228158456E+00 a       560     0    24     1     8
  2.1264468371491967E+00 a       561     0    24     1     9
  6.5657680049744105E+00 a       562     0    24     1    10
 -3.1739284436457882E+00 a       563     0    24     1    11
  1.7533284367065878E+01 a       564     0    24     1    12
 -3.2817856809828503E+00 a       565     0    24     1    13
 -1.1722313492004131E+00 a       566     0    24     1    14
  6.6839239181115923E-02 a       567     0    24     1    15
  1.0320245083728012E+00 a       568     0    24     1    16
 -6.0728520512962127E+00 a       569     0    24     1    17
 -3.3639444188463035E+00 a       570     0    24     1    18
 -5.5282559455197937E+00 a       571     0    24     1    19
  7.8003366706750858E+00 a       572     0    24     1    20
  2.1281473545385228E+00 a       573     0    24     1    21
  1.3913857057342163E+01 a       574     0    24     1    22
 -2.6316180334770780E+00 a       575     0    24     1    23
  9.4004500595063494E+00 a       576     0    24     1    24
 -6.1486750814750579E-02 a       577     0    25     1     1
 -2.0532823639348455E-01 a       578     0    25     1     2
 -2.5494818270577002E+00 a       579     0    25     1     3
  1.5703802003775820E+00 a       580     0    25     1     4
  6.1586743235974784E-01 a       581     0    25     1     5
  1.6725919123891100E+00 a       582     0    25     1     6
  1.9523241770459925E+00 a       583     0    25     1     7
 -3.3246593061151195E+00 a       584     0    25     1     8
  6.3544029073837105E-01 a       585     0    25     1     9
  3.2456698500385450E-01 a       586     0    25     1    10
 -4.8025389226662005E+00 a       587     0    25     1    11
 -5.1903284394362970E-01 a       588     0    25     1    12
  6.9503694577703810E+00 a       589     0    25     1    13
  2.1861568656698620E+00 a       590     0    25     1    14
  1.9265263155089376E+00 a       591     0    25     1    15
  1.8441485277751746E+00 a       592     0    25     1    16
 -2.5248502988857098E+00 a       593     0    25     1    17
  5.7950392955539458E+00 a       594     0    25     1    18
 -9.1078724005258582E-01 a       595     0    25     1    19
 -1.3772932222169401E+00 a       596     0    25     1    20
 -4.5383925860087077E-01 a       597     0    25     1    21
  3.4321962325724980E+00 a       598     0    25     1    22
 -3.9846472479493942E+00 a       599     0    25     1    23
 -6.4413527012965028E+00 a       600     0    25     1    24
 -1.2434354679311719E+00 a       601     0    26     1     1
  2.8774681949747256E+00 a       602     0    26     1     2
  5.0859843640355706E-01 a       603     0    26     1     3
 -1.3582729817461616E+00 a       604     0    26     1     4
  2.3643617215919179E+00 a       605     0    26     1     5
  2.1453881284939067E+00 a       606     0    26     1     6
 -7.4871897128236720E-01 a       607     0    26     1     7
 -1.4447323690381806E+00 a       608     0    26     1     8
  5.8638823455303768E-01 a       609     0    26     1     9
  5.1863704954845369E-01 a       610     0    26     1    10
 -4.8791305148681108E+00 a       611     0    26     1    11
 -6.8887487445041118E-01 a       612     0    26     1    12
  6.6184455303736094E+00 a       613     0    26     1    13
  8.1538154355075176E-01 a       614     0    26     1    14
  2.6991703571630626E-01 a       615     0    26     1    15
  1.5385003949812186E+00 a       616     0    26     1    16
 -2.4359142627401127E+00 a       617     0    26     1    17
  8.6121410060238990E+00 a       618     0    26     1    18
 -2.3066567358512553E+00 a       619     0    26     1    19
 -1.8150927528501964E-01 a       620     0    26     1    20
 -2.8078847953452906E+00 a       621     0    26     1    21
  4.9004849125531900E+00 a       622     0    26     1    22
 -5.1060419883089816E+00 a       623     0    26     1    23
 -7.4959419419449160E+00 a       624     0    26     1    24
  6.8064809381029212E-01 a       625     0    27     1     1
  2.6943411802221728E+00 a       626     0    27     1     2
 -1.3054299256461905E+00 a       627     0    27     1     3
 -1.4655616011509316E+00 a       628     0    27     1     4
  5.2288647086394286E+00 a       629     0    27     1     5
  2.8368371070894591E+00 a       630     0    27     1     6
 -1.4521116835413381E+00 a       631     0    27     1     7
  1.3508187132850993E+00 a       632     0    27     1     8
  3.8330922422069552E-01 a       633     0    27     1     9
  2.1078623383611225E-01 a       634     0    27     1    10
 -4.4743870587798718E+00 a       635     0    27     1    11
  2.5385882280108980E+00 a       636     0    27     1    12
  3.7866648371713771E+00 a       637     0    27     1    13
  2.1500729064865123E+00 a       638     0    27     1    14
  2.1843357599721367E+00 a       639     0    27     1    15
  1.1901118808979447E-01 a       640     0    27     1    16
 -3.0724606006194568E+00 a       641     0    27     1    17
  3.5718069894392919E+00 a       642     0    27     1    18
  8.4937071613638182E-01 a       643     0    27     1    19
 -9.7215029114795415E-01 a       644     0    27     1    20
  6.1487304618922145E-01 a       645     0    27     1    21
  3.7068395469654232E+00 a       646     0    27     1    22
 -6.0105820733583242E+00 a       647     0    27     1    23
 -4.2697652769934766E+00 a       648     0    27     1    24
 -6.8760499215002835E-01 a       649     0    28     1     1
  7.7259318188838400E-01 a       650     0    28     1     2
  3.1546589863714942E+00 a       651     0    28     1     3
  1.8523188348010089E+00 a       652     0    28     1     4
 -2.7205724356356682E+00 a       653     0    28     1     5
 -2.7844972734251661E+00 a       654     0    28     1     6
  1.1809904312390911E-01 a       655     0    28     1     7
  2.3083057206229216E+00 a       656     0    28     1     8
 -1.6174111832241262E+00 a       657     0    28     1     9
  1.3744034120658621E+00 a       658     0    28     1    10
  2.7284520616470735E+00 a       659     0    28     1    11
  4.3389274240755854E-01 a       660     0    28     1    12
 -5.6254287446341307E+00 a       661     0    28     1    13
 -3.6283097304532248E+00 a       662     0    28     1    14
  1.1806034992622783E+00 a       663     0    28     1    15
 -1.9416253105066734E+00 a       664     0    28     1    16
  3.0806065297017944E+00 a       665     0    28     1    17
 -5.8921860970090414E+00 a       666     0    28     1    18
  1.0550026951996698E+00 a       667     0    28     1    19
 -1.1223186875374653E+00 a       668     0    28     1    20
  9.8560210812382776E-01 a       669     0    28     1    21
 -3.6778250013619109E+00 a       670     0    28     1    22
  3.3720998630536956E+00 a       671     0    28     1    23
  4.6697516513727555E+00 a       672     0    28     1    24
  4.3741503662245860E+00 a       673     0    29     1     1
  4.4725084272492213E+00 a       674     0    29     1     2
 -7.5777893052571499E-01 a       675     0    29     1     3
 -1.6845920746627028E+00 a       676     0    29     1     4
 -4.2591211832885660E+00 a       677     0    29     1     5
 -4.4480880111871954E+00 a       678     0    29     1     6
  2.8725078103911472E+00 a       679     0    29     1     7
  7.4332324680316128E-02 a       680     0    29     1     8
 -6.3517191211104540E-01 a       681     0    29     1     9
 -3.6000415450463743E+00 a       682     0    29     1    10
  4.7477243578328183E+00 a       683     0    29     1    11
 -6.1625550176606436E-01 a       684     0    29     1    12
 -7.3026564736110604E+00 a       685     0    29     1    13
 -5.2483994935316689E+00 a       686     0    29     1    14
  3.9572767425439181E+00 a       687     0    29     1    15
 -4.7918149034084747E+00 a       688     0    29     1    16
  3.6373949756114032E+00 a       689     0    29     1    17
 -9.8532717084057548E+00 a       690     0    29     1    18
 -1.0530741953137219E+00 a       691     0    29     1    19
 -2.0103699458152038E+00 a       692     0    29     1    20
 -2.6864842628509051E+00 a       693     0    29     1    21
 -2.3357674853607127E+00 a       694     0    29     1    22
  3.6674042288106512E+00 a       695     0    29     1    23
  3.1722871000010988E+00 a       696     0    29     1    24
  3.3609861449465828E+00 a       697     0    30     1     1
  1.5805168479459217E+00 a       698     0    30     1     2
  3.3464016259980772E-02 a       699     0    30     1     3
  4.0390865604368527E+00 a       700     0    30     1     4
  2.9791376425529092E-02 a       701     0    30     1     5
 -2.9199482891346835E+00 a       702     0    30     1     6
  4.3388792606594162E-01 a       703     0    30     1     7
 -3.5457652115392899E+00 a       704     0    30     1     8
 -1.6743608988068373E+00 a       705     0    30     1     9
  2.0665207168191424E+00 a       706     0    30     1    10
  4.4057044779654122E+00 a       707     0    30     1    11
  2.3333890548977747E+00 a       708     0    30     1    12
 -3.3066497831972428E+00 a       709     0    30     1    13
 -9.5681123486483266E-01 a       710     0    30     1    14
 -3.2921269259777226E+00 a       711     0    30     1    15
 -3.2180385679781325E+00 a       712     0    30     1    16
  8.6195588877538076E-01 a       713     0    30     1    17
 -6.8208427644673604E+00 a       714     0    30     1    18
  7.9726724682771022E-01 a       715     0    30     1    19
  1.0015313623291021E-01 a       716     0    30     1    20
 -7.7618548487564609E-02 a       717     0    30     1    21
 -5.1396850106643632E-02 a       718     0    30     1    22
  4.8335065566855793E+00 a       719     0    30     1    23
  2.8304087934410811E+00 a       720     0    30     1    24
  9.7422560165664018E-01 a       721     0    31     1     1
 -4.0188429957190266E+00 a       722     0    31     1     2
  2.2765325247905386E+00 a       723     0    31     1     3
  5.0404760212782407E-01 a       724     0    31     1     4
  1.3194293084197801E+00 a       725     0    31     1     5
 -9.5286161588267024E+00 a       726     0    31     1     6
 -5.1434230436678885E-01 a       727     0    31     1     7
  5.3116393044597598E-01 a       728     0    31     1     8
  3.1715424340968745E+00 a       729     0    31     1     9
  5.6021230700290374E+00 a       730     0    31     1    10
 -8.1740976766770768E+00 a       731     0    31     1    11
 -1.8261837295166425E+00 a       732     0    31     1    12
 -7.9307943205934022E+00 a       733     0    31     1    13
  6.6938376238625414E+00 a       734     0    31     1    14
 -5.2094068363141108E+00 a       735     0    31     1    15
  7.6025570500711410E+00 a       736     0    31     1    16
 -6.4451451532998032E+00 a       737     0    31     1    17
  3.4864387763382698E+00 a       738     0    31     1    18
  8.6851101539700615E+00 a       739     0    31     1    19
 -6.8281640255748837E+00 a       740     0    31     1    20
  1.0660862882225180E+01 a       741     0    31     1    21
  6.8543930050577710E+00 a       742     0    31     1    22
  1.6285410077836153E+00 a       743     0    31     1    23
  1.0262427116228945E+01 a       744     0    31     1    24
 -3.4658262415471427E+01 a       745     0    32     1     1
  1.6263009179498159E+01 a       746     0    32     1     2
 -6.9047423103829955E+00 a       747     0    32     1     3
 -2.8354449832939128E+00 a       748     0    32     1     4
 -1.2237056141152042E+01 a       749     0    32     1     5
 -7.2575753745576348E+00 a       750     0    32     1     6
 -1.0211918036444686E+01 a       751     0    32     1     7
  5.4244829323107595E+00 a       752     0    32     1     8
 -1.2525456567018121E+01 a       753     0    32     1     9
  4.4063260710201781E+00 a       754     0    32     1    10
 -5.8872934566568409E+00 a       755     0    32     1    11
  5.6571353012776022E+00 a       756     0    32     1    12
 -1.9166748136449061E+00 a       757     0    32     1    13
 -8.6031740580737215E-01 a       758     0    32     1    14
  6.0479718093001622E-01 a       759     0    32     1    15
  1.4902129952417265E+00 a       760     0    32     1    16
 -9.2152782267697351E+00 a       761     0    32     1    17
  3.7014518081371706E+00 a       762     0    32     1    18
 -1.7155842689080817E+01 a       763     0    32     1    19
  1.0893725459409961E-01 a       764     0    32     1    20
  1.3116481140618980E+01 a       765     0    32     1    21
  6.3213745599166771E+00 a       766     0    32     1    22
 -4.8020476851531102E+00 a       767     0    32     1    23
 -2.7306067831158125E+00 a       768     0    32     1    24
  1.1241460964295584E+00 a       769     0    33     1     1
 -1.0496397891229481E+00 a       770     0    33     1     2
  1.2198642227096015E+00 a       771     0    33     1     3
 -7.6503528979749436E-03 a       772     0    33     1     4
  1.9683111247896696E+00 a       773     0    33     1     5
  1.1208186945698051E+00 a       774     0    33     1     6
 -2.2526819644960954E+00 a       775     0    33     1     7
 -7.9496433863165317E-01 a       776     0    33     1     8
 -1.1875933163101664E+00 a       777     0    33     1     9
 -1.2087635409881108E+00 a       778     0    33     1    10
  4.6815673144872223E+00 a       779     0    33     1    11
 -1.5708291257340736E+00 a       780     0    33     1    12
  2.8640775973430821E-01 a       781     0    33     1    13
  7.8158981416906026E-01 a       782     0    33     1    14
  3.2502663442901764E-01 a       783     0    33     1    15
  1.8241877950092715E+00 a       784     0    33     1    16
  1.7043817014820235E+00 a       785     0    33     1    17
  3.5415286937072961E+00 a       786     0    33     1    18
 -1.4801655629701651E+00 a       787     0    33     1    19
 -6.2147021637220323E-01 a       788     0    33     1    20
 -9.4396692870651577E-01 a       789     0    33     1    21
 -1.5218116440708456E+00 a       790     0    33     1    22
 -3.2480169276615132E+00 a       791     0    33     1    23
 -1.1358542140139343E+00 a       792     0    33     1    24
 -3.9057664283119256E-02 a       793     0    34     1     1
 -3.7612284104992305E-01 a       794     0    34     1     2
  2.4626175820446922E-01 a       795     0    34     1     3
 -3.5592579744224619E-02 a       796     0    34     1     4
  1.1133492694550594E-01 a       797     0    34     1     5
 -5.6307628131562627E-02 a       798     0    34     1     6
 -1.0322196537121202E-01 a       799     0    34     1     7
 -5.6045381304890418E-01 a       800     0    34     1     8
 -1.1265037303414334E-01 a       801     0    34     1     9
 -5.8763672508197341E-02 a       802     0    34     1    10
  3.9985005970387216E-01 a       803     0    34     1    11
  2.8771446156056518E-02 a       804     0    34     1    12
  1.0662149470882570E-01 a       805     0    34     1    13
  1.1942112103679239E-01 a       806     0    34     1    14
 -1.7286109636540734E-01 a       807     0    34     1    15
 -1.0037720287079183E-01 a       808     0    34     1    16
  1.3565606399450714E-01 a       809     0    34     1    17
  1.8999062326725866E-01 a       810     0    34     1    18
  1.1556512881233212E-01 a       811     0    34     1    19
  5.9075399536463724E-01 a       812     0    34     1    20
 -2.0527541564136889E-01 a       813     0    34     1    21
 -3.3290104492038852E-01 a       814     0    34     1    22
 -3.3838876718033296E-02 a       815     0    34     1    23
  2.3973839519981700E-02 a       816     0    34     1    24
  2.3571308577558925E-01 a       817     0    35     1     1
 -1.7780157420340006E-01 a       818     0    35     1     2
  6.9101430439976752E-01 a       819     0    35     1     3
  1.1125095858565304E-01 a       820     0    35     1     4
 -1.6216617712740660E+00 a       821     0    35     1     5
  2.9621983542348310E-02 a       822     0    35     1     6
  1.2525842751982210E+00 a       823     0    35     1     7
  1.9852054022077653E-01 a       824     0    35     1     8
  4.5024141671772056E-01 a       825     0    35     1     9
  7.0007325882595428E-01 a       826     0    35     1    10
 -1.4189934708087752E+00 a       827     0    35     1    11
  1.1914019521317658E+00 a       828     0    35     1    12
 -4.7350162876365953E-01 a       829     0    35     1    13
 -2.3345585783876763E-01 a       830     0    35     1    14
 -3.3467769149442647E-02 a       831     0    35     1    15
 -3.7531689107942595E-01 a       832     0    35     1    16
 -9.4838496711474674E-01 a       833     0    35     1    17
 -9.8185998122679696E-01 a       834     0    35     1    18
 -3.8917113119908253E-01 a       835     0    35     1    19
  1.8648243344972599E+00 a       836     0    35     1    20
  6.9183505134926759E-01 a       837     0    35     1    21
 -2.6958063833365675E-01 a       838     0    35     1    22
  8.2403884504641534E-01 a       839     0    35     1    23
  1.4394122451496385E+00 a       840     0    35     1    24
  4.3799414564150463E-01 a       841     0    36     1     1
 -5.5879077013995160E-01 a       842     0    36     1     2
  8.6865129453163747E-01 a       843     0    36     1     3
  7.0004439929880202E-01 a       844     0    36     1     4
  9.0987870352888744E-01 a       845     0    36     1     5
  7.1836107736324639E-01 a       846     0    36     1     6
  6.1031612624933673E-01 a       847     0    36     1     7
  6.1267797962460224E-01 a       848     0    36     1     8
  9.2125177707164430E-01 a       849     0    36     1     9
  6.2278899316768854E-01 a       850     0    36     1    10
 -1.3252268877180813E+00 a       851     0    36     1    11
 -1.6497450093589791E-01 a       852     0    36     1    12
 -4.7901509686679644E-01 a       853     0    36     1    13
 -2.1603720261697137E+00 a       854     0    36     1    14
  3.6832934259514144E-01 a       855     0    36     1    15
  4.1968251918375593E-01 a       856     0    36     1    16
 -5.2426503295533067E-01 a       857     0    36     1    17
  6.1942201869974886E-02 a       858     0    36     1    18
 -4.0549256824449748E-01 a       859     0    36     1    19
  1.2959900826198747E+00 a       860     0    36     1    20
  1.4547547523409999E-02 a       861     0    36     1    21
  7.0669307858743771E-02 a       862     0    36     1    22
  3.4612528952268345E-01 a       863     0    36     1    23
  1.8708725070345131E-01 a       864     0    36     1    24
 -3.7292756675870542E-01 a       865     0    37     1     1
 -1.4958099880329245E+00 a       866     0    37     1     2
  2.3044010727637576E+00 a       867     0    37     1     3
 -5.4389815161811073E-01 a       868     0    37     1     4
  2.7151797085649467E+00 a       869     0    37     1     5
  2.7747749853209491E+00 a       870     0    37     1     6
  1.5940258508662788E+00 a       871     0    37     1     7
  3.7015057266158595E+00 a       872     0    37     1     8
  1.6683712019779355E+00 a       873     0    37     1     9
  1.0341243600955425E+00 a       874     0    37     1    10
 -2.8747956116312077E+00 a       875     0    37     1    11
 -1.6140018142596781E+00 a       876     0    37     1    12
 -4.3381963007416957E-01 a       877     0    37     1    13
 -2.5290002514751544E+00 a       878     0    37     1    14
  7.7744275614585134E-01 a       879     0    37     1    15
  7.8348690687857481E-01 a       880     0    37     1    16
 -6.4170959008515258E-02 a       881     0    37     1    17
 -1.7557871446611706E-01 a       882     0    37     1    18
 -1.2078734859910567E+00 a       883     0    37     1    19
  8.6615035431708287E-01 a       884     0    37     1    20
 -6.8140751235650421E-01 a       885     0    37     1    21
  1.1625229971576596E+00 a       886     0    37     1    22
 -8.2804748329132294E-01 a       887     0    37     1    23
  7.8338183172290643E-01 a       888     0    37     1    24
 -5.1442633096060231E-01 a       889     0    38     1     1
  1.3484802697475129E+00 a       890     0    38     1     2
  3.1440027211840400E+00 a       891     0    38     1     3
  5.2496042058703209E-02 a       892     0    38     1     4
  9.0060472212296372E-01 a       893     0    38     1     5
  2.4983542157445954E-01 a       894     0    38     1     6
  1.1569956646309039E+00 a       895     0    38     1     7
  9.9694104898869029E-01 a       896     0    38     1     8
 -2.4512576248476310E-02 a       897     0    38     1     9
 -8.6246439564328559E-01 a       898     0    38     1    10
 -6.8881854336733828E-01 a       899     0    38     1    11
  6.7040339320488262E-01 a       900     0    38     1    12
  2.3894435211841356E-01 a       901     0    38     1    13
  2.4771045591241858E+00 a       902     0    38     1    14
  3.2549384736894216E+00 a       903     0    38     1    15
 -7.3127659337039641E-01 a       904     0    38     1    16
 -1.1283226528628858E+00 a       905     0    38     1    17
  1.2052208914206275E+00 a       906     0    38     1    18
  3.3411458015275191E+00 a       907     0    38     1    19
  3.3465325175629765E-02 a       908     0    38     1    20
 -7.3192575177176242E-02 a       909     0    38     1    21
  8.6451177399414492E-01 a       910     0    38     1    22
  9.4323627643737407E-01 a       911     0    38     1    23
  6.6543280975728958E-01 a       912     0    38     1    24
 -2.1590588268706185E-01 a       913     0    39     1     1
  1.7918415022625409E+00 a       914     0    39     1     2
 -3.0836984543271656E-01 a       915     0    39     1     3
 -4.7461601978682139E-01 a       916     0    39     1     4
 -7.3353443734768403E-02 a       917     0    39     1     5
 -7.1244864641289407E-01 a       918     0    39     1     6
 -5.7622925606426886E-02 a       919     0    39     1     7
  1.1481606564849123E+00 a       920     0    39     1     8
  6.1446103669593655E-01 a       921     0    39     1     9
 -1.1851820883971285E+00 a       922     0    39     1    10
 -7.0111500461705489E-01 a       923     0    39     1    11
 -5.2376018355735854E-01 a       924     0    39     1    12
 -1.3543012707805289E+00 a       925     0    39     1    13
  1.0646765641030764E+00 a       926     0    39     1    14
  5.7631272148377044E-01 a       927     0    39     1    15
  6.2568806246333208E-01 a       928     0    39     1    16
  6.3203169182441221E-01 a       929     0    39     1    17
 -3.8862168552050652E-01 a       930     0    39     1    18
  8.8276289162628419E-01 a       931     0    39     1    19
 -6.9685804794847306E-01 a       932     0    39     1    20
 -2.4117499483280616E-01 a       933     0    39     1    21
  1.0155403685345403E+00 a       934     0    39     1    22
 -9.4573996985623543E-01 a       935     0    39     1    23
 -1.4339900566442643E-01 a       936     0    39     1    24
 -2.6421096171212768E+00 a       937     0    40     1     1
  1.5366795314609123E+00 a       938     0    40     1     2
  1.2280637921006617E-01 a       939     0    40     1     3
  9.0856865729360392E-01 a       940     0    40     1     4
  3.2187504601568753E+00 a       941     0    40     1     5
  1.1605535342359631E-01 a       942     0    40     1     6
  4.2504577618838563E-01 a       943     0    40     1     7
 -3.5780090202759074E-01 a       944     0    40     1     8
  1.7497243921320762E+00 a       945     0    40     1     9
 -1.0230244083712834E+00 a       946     0    40     1    10
 -2.3972940519029216E+00 a       947     0    40     1    11
 -3.5063960020933299E-01 a       948     0    40     1    12
  8.7994478458013459E-01 a       949     0    40     1    13
 -2.9850778066831114E+00 a       950     0    40     1    14
  1.1845322187011196E+00 a       951     0    40     1    15
 -7.4337416074760343E-01 a       952     0    40     1    16
  6.9145354261323691E-02 a       953     0    40     1    17
  1.9126000447034301E+00 a       954     0    40     1    18
  9.6914920572401386E-01 a       955     0    40     1    19
 -4.1081061088138036E+00 a       956     0    40     1    20
 -1.5235504867887636E-01 a       957     0    40     1    21
  2.3979051194030476E-01 a       958     0    40     1    22
 -1.8789031447987742E-01 a       959     0    40     1    23
 -2.1996351077476128E+00 a       960     0    40     1    24
 -2.3182595742631253E+00 a       961     0    41     1     1
  9.1249361828844999E-01 a       962     0    41     1     2
 -1.4243110753315134E+00 a       963     0    41     1     3
 -2.1260256422658217E+00 a       964     0    41     1     4
 -3.2905433603947780E+00 a       965     0    41     1     5
  5.0780118144601361E-01 a       966     0    41     1     6
  3.3220586101865619E+00 a       967     0    41     1     7
 -3.3700823741746739E+00 a       968     0    41     1     8
 -3.4586054443382935E-01 a       969     0    41     1     9
 -1.1775644233021427E+00 a       970     0    41     1    10
 -2.7303670810528078E+00 a       971     0    41     1    11
  2.1178797493252937E+00 a       972     0    41     1    12
  1.6951588437314933E+00 a       973     0    41     1    13
  2.1617407451430237E+00 a       974     0    41     1    14
  1.0785870418408798E+00 a       975     0    41     1    15
  2.2689291058286584E-01 a       976     0    41     1    16
 -2.1730197906394317E+00 a       977     0    41     1    17
  2.7052243711590895E+00 a       978     0    41     1    18
 -3.0857516298394322E-01 a       979     0    41     1    19
 -4.5346162404002515E+00 a       980     0    41     1    20
 -4.2749649556775102E+00 a       981     0    41     1    21
  3.0230457160712847E+00 a       982     0    41     1    22
  8.6192649563726642E-01 a       983     0    41     1    23
 -1.0516204669572129E+00 a       984     0    41     1    24
 -1.3223064397907457E-02 a       985     0    42     1     1
  1.7347509109530529E-01 a       986     0    42     1     2
  1.5222986468764583E+00 a       987     0    42     1     3
  1.0415629379686864E+00 a       988     0    42     1     4
 -3.0715869898163524E+00 a       989     0    42     1     5
 -1.3193927530417202E+00 a       990     0    42     1     6
  6.8228417602749702E-01 a       991     0    42     1     7
 -1.0725809608460826E+00 a       992     0    42     1     8
 -1.6865392997097600E-03 a       993     0    42     1     9
  2.1049108899131550E+00 a       994     0    42     1    10
 -8.0570949951359239E-01 a       995     0    42     1    11
  1.9987631410606925E+00 a       996     0    42     1    12
 -1.5468022864072535E+00 a       997     0    42     1    13
 -9.4191103976477530E-01 a       998     0    42     1    14
 -8.9070680501787114E-01 a       999     0    42     1    15
  9.6129989808469429E-01 a      1000     0    42     1    16
 -5.8641255726815045E-01 a      1001     0    42     1    17
 -1.4471199722730579E+00 a      1002     0    42     1    18
 -1.2655861542580310E-01 a      1003     0    42     1    19
 -1.4145117722237985E+00 a      1004     0    42     1    20
 -1.2119615843117357E+00 a      1005     0    42     1    21
 -6.6312698687305563E-02 a      1006     0    42     1    22
  2.3491226601161004E+00 a      1007     0    42     1    23
  1.9144497222805561E+00 a      1008     0    42     1    24
  3.8755096729884784E+00 a      1009     0    43     1     1
 -3.3304531389570657E+00 a      1010     0    43     1     2
  1.5991818764223060E+01 a      1011     0    43     1     3
  6.3255187103298542E+00 a      1012     0    43     1     4
 -1.0835219451539347E+01 a      1013     0    43     1     5
  4.7887214477545346E+00 a      1014     0    43     1     6
  7.9188669339478528E+00 a      1015     0    43     1     7
 -1.2429372115219190E+01 a      1016     0    43     1     8
  7.2598081782144321E+00 a      1017     0    43     1     9
  9.8843408187892958E+00 a      1018     0    43     1    10
 -9.3192423604065180E+00 a      1019     0    43     1    11
  6.5125080971336446E+00 a      1020     0    43     1    12
  7.1399948021505799E-01 a      1021     0    43     1    13
  9.2494245819282206E+00 a      1022     0    43     1    14
 -3.1180414996553667E+00 a      1023     0    43     1    15
  6.5015966740759907E+00 a      1024     0    43     1    16
 -1.2441438169522425E+00 a      1025     0    43     1    17
  3.2119331898693548E-01 a      1026     0    43     1    18
 -4.4064153077206560E+00 a      1027     0    43     1    19
  1.0269114234696621E+01 a      1028     0    43     1    20
 -5.4177460132623301E+00 a      1029     0    43     1    21
 -1.5420431725116666E+00 a      1030     0    43     1    22
  5.3628517621592975E+00 a      1031     0    43     1    23
  5.5075402190533653E+00 a      1032     0    43     1    24
  1.8915392387880980E-01 a      1033     0    44     1     1
 -5.2997001224135696E+00 a      1034     0    44     1     2
 -7.7956900768829076E+00 a      1035     0    44     1     3
  5.6769487190537200E+00 a      1036     0    44     1     4
  5.5207035141786704E+00 a      1037     0    44     1     5
  4.0015169211554404E+00 a      1038     0    44     1     6
 -5.6133448636527072E+00 a      1039     0    44     1     7
 -6.4380005614754738E+00 a      1040     0    44     1     8
  2.2842266357138725E+00 a      1041     0    44     1     9
  3.2746121249151923E+00 a      1042     0    44     1    10
 -1.2298390950207971E+00 a      1043     0    44     1    11
 -3.5342832798843933E+00 a      1044     0    44     1    12
  2.9383191159951756E+00 a      1045     0    44     1    13
 -1.1256990206163556E+01 a      1046     0    44     1    14
 -6.2404828277147546E+00 a      1047     0    44     1    15
  3.2394068545793253E+00 a      1048     0    44     1    16
  4.1392062766770197E+00 a      1049     0    44     1    17
  6.9185235663735778E+00 a      1050     0    44     1    18
 -5.5472797859951024E+00 a      1051     0    44     1    19
  9.3210242050721970E+00 a      1052     0    44     1    20
 -2.7277570344013675E+00 a      1053     0    44     1    21
 -5.0700158372324458E+00 a      1054     0    44     1    22
 -2.2092207042282004E+00 a      1055     0    44     1    23
 -8.4042668369608524E+00 a      1056     0    44     1    24
 -5.7448305569865066E-01 a      1057     0    45     1     1
 -2.6327588590964841E+00 a      1058     0    45     1     2
  1.7146094794391327E+00 a      1059     0    45     1     3
  3.4625076979367067E+00 a      1060     0    45     1     4
  3.5802043711577216E+00 a      1061     0    45     1     5
  4.2190509420853601E+00 a      1062     0    45     1     6
 -6.8723254374502196E-01 a      1063     0    45     1     7
 -5.5072904181306566E+00 a      1064     0    45     1     8
 -2.0075533913017303E+00 a      1065     0    45     1     9
  3.5808580072023553E+00 a      1066     0    45     1    10
  5.6105222199988136E-01 a      1067     0    45     1    11
 -2.5761781041853116E-01 a      1068     0    45     1    12
  4.4110870518973311E+00 a      1069     0    45     1    13
 -4.6056327857835813E+00 a      1070     0    45     1    14
 -1.1578389733914052E+00 a      1071     0    45     1    15
 -2.3303816768559544E+00 a      1072     0    45     1    16
  1.1837328742698018E-01 a      1073     0    45     1    17
  6.3486826726598995E+00 a      1074     0    45     1    18
  1.4840825369329684E+00 a      1075     0    45     1    19
  6.1703621091294290E+00 a      1076     0    45     1    20
 -6.7600923066882390E-01 a      1077     0    45     1    21
 -3.6978143272452626E+00 a      1078     0    45     1    22
  3.8927944461616524E+00 a      1079     0    45     1    23
 -2.3315290155983384E+00 a      1080     0    45     1    24
  7.3377586833225861E+00 a      1081     0    46     1     1
 -8.3337152276672004E+00 a      1082     0    46     1     2
 -2.3397004707981184E+00 a      1083     0    46     1     3
 -3.3114549832950431E+00 a      1084     0    46     1     4
 -4.2410388864619550E+00 a      1085     0    46     1     5
  4.9217867246866067E+00 a      1086     0    46     1     6
  8.3389728635492444E-01 a      1087     0    46     1     7
 -7.3040191563137808E+00 a      1088     0    46     1     8
 -5.8316973179715967E+00 a      1089     0    46     1     9
  4.6104387635979176E+00 a      1090     0    46     1    10
 -1.2529976945554238E+00 a      1091     0    46     1    11
  3.8664226860253570E-01 a      1092     0    46     1    12
  3.9703045528348904E+00 a      1093     0    46     1    13
  6.5967590008464372E+00 a      1094     0    46     1    14
 -3.1120485985678572E+00 a      1095     0    46     1    15
 -5.1495879261859201E-01 a      1096     0    46     1    16
 -2.3873530174925520E-01 a      1097     0    46     1    17
  5.8570994309984865E+00 a      1098     0    46     1    18
 -8.6248357441155061E+00 a      1099     0    46     1    19
  1.3948049022796789E+01 a      1100     0    46     1    20
 -6.0743529018253168E+00 a      1101     0    46     1    21
  3.5011409185236951E-02 a      1102     0    46     1    22
 -2.3198582938661669E+00 a      1103     0    46     1    23
 -2.4213725173253211E+00 a      1104     0    46     1    24
  1.6167740195041784E+00 a      1105     0    47     1     1
  2.5484410881836674E+00 a      1106     0    47     1     2
  3.8656674777077384E+00 a      1107     0    47     1     3
  1.3132454097252879E+00 a      1108     0    47     1     4
 -7.3472803777167561E-01 a      1109     0    47     1     5
  6.4840020323994441E-01 a      1110     0    47     1     6
 -1.9272722445843617E+00 a      1111     0    47     1     7
  3.8642364598267038E+00 a      1112     0    47     1     8
 -7.9211083936085902E-01 a      1113     0    47     1     9
  3.1314811099552657E+00 a      1114     0    47     1    10
  5.4469048510651916E+00 a      1115     0    47     1    11
 -8.4126301212466326E-01 a      1116     0    47     1    12
 -2.4133685925309796E+00 a      1117     0    47     1    13
 -6.7968504024924248E-01 a      1118     0    47     1    14
 -1.3625301590656724E+00 a      1119     0    47     1    15
 -1.4551220392879614E+00 a      1120     0    47     1    16
  2.4510934370374540E+00 a      1121     0    47     1    17
 -4.5194927836946439E+00 a      1122     0    47     1    18
  4.1995171494114727E+00 a      1123     0    47     1    19
  1.1035337822905685E+01 a      1124     0    47     1    20
  5.7454957141608443E+00 a      1125     0    47     1    21
 -3.2286046112158968E+00 a      1126     0    47     1    22
  4.2416649270189160E+00 a      1127     0    47     1    23
  6.2199608196232070E+00 a      1128     0    47     1    24
  2.7429757044753506E-01 a      1129     0    48     1     1
 -6.5090830821384662E+00 a      1130     0    48     1     2
 -3.5963648250523099E+00 a      1131     0    48     1     3
 -3.6067446607024509E+00 a      1132     0    48     1     4
  1.2859963722206230E+01 a      1133     0    48     1     5
  7.0172259867554221E+00 a      1134     0    48     1     6
  2.4088203443968665E+00 a      1135     0    48     1     7
 -4.4566542651890559E+00 a      1136     0    48     1     8
  4.4819250640448534E+00 a      1137     0    48     1     9
 -1.8640045581661673E+00 a      1138     0    48     1    10
 -6.2290142837389348E+00 a      1139     0    48     1    11
 -5.6235594605927774E+00 a      1140     0    48     1    12
  7.5535835631510126E+00 a      1141     0    48     1    13
 -5.1801907852371141E+00 a      1142     0    48     1    14
  1.2099552621531606E+00 a      1143     0    48     1    15
 -7.9135276984158653E-01 a      1144     0    48     1    16
 -3.2216749748928764E+00 a      1145     0    48     1    17
  1.1958479851672120E+01 a      1146     0    48     1    18
 -2.0029717744780933E+00 a      1147     0    48     1    19
  1.2158968409037429E+01 a      1148     0    48     1    20
 -2.7948809909253534E+00 a      1149     0    48     1    21
  3.2770946776239405E+00 a      1150     0    48     1    22
 -3.3425029044883106E+00 a      1151     0    48     1    23
 -8.8629636739436677E+00 a      1152     0    48     1    24
 -1.3147249064370362E+01 a      1153     0    49     1     1
 -3.4832854333484748E+00 a      1154     0    49     1     2
 -1.5804289487748738E+01 a      1155     0    49     1     3
 -1.7301991274329659E+01 a      1156     0    49     1     4
  1.4605164052611050E+01 a      1157     0    49     1     5
  3.4399847693962169E+00 a      1158     0    49     1     6
 -2.2371903907420561E+00 a      1159     0    49     1     7
  6.5472575409038205E+00 a      1160     0    49     1     8
 -7.8785311884738860E+00 a      1161     0    49     1     9
 -3.3175557117763286E+00 a      1162     0    49     1    10
 -1.1471975063390291E+01 a      1163     0    49     1    11
 -1.2653920216498737E+01 a      1164     0    49     1    12
  6.1537574865710685E+00 a      1165     0    49     1    13
 -1.9685840897210806E+01 a      1166     0    49     1    14
 -4.8741369997175257E+00 a      1167     0    49     1    15
 -1.1595945199089316E+01 a      1168     0    49     1    16
 -1.1033719796022949E+01 a      1169     0    49     1    17
  1.7030511430201127E+01 a      1170     0    49     1    18
  4.5306264045514375E+00 a      1171     0    49     1    19
 -3.5877152012267448E+00 a      1172     0    49     1    20
  3.4769400925149965E+00 a      1173     0    49     1    21
  7.3752311764503675E+00 a      1174     0    49     1    22
 -1.2266393404457000E+01 a      1175     0    49     1    23
 -1.9464368507400629E+01 a      1176     0    49     1    24
 -1.2342505759628757E-01 a      1177     0    50     1     1
 -4.9899376737047874E-01 a      1178     0    50     1     2
  7.5299531065176672E-02 a      1179     0    50     1     3
 -5.2195016670250394E-01 a      1180     0    50     1     4
 -2.7306369342375231E-01 a      1181     0    50     1     5
  2.7029245491284259E-01 a      1182     0    50     1     6
 -4.6922301850426990E-01 a      1183     0    50     1     7
  8.6762331091136058E-01 a      1184     0    50     1     8
  5.5140672633912746E-01 a      1185     0    50     1     9
 -5.2209353194097952E-01 a      1186     0    50     1    10
 -2.1783068877332698E-01 a      1187     0    50     1    11
 -1.5892918092258365E-01 a      1188     0    50     1    12
 -6.4269792662393543E-01 a      1189     0    50     1    13
  5.0215834511550173E-01 a      1190     0    50     1    14
  1.9735223655865977E-01 a      1191     0    50     1    15
  5.1400382653280852E-01 a      1192     0    50     1    16
  5.1396955301395253E-01 a      1193     0    50     1    17
 -4.6478799369984264E-01 a      1194     0    50     1    18
 -6.2247869645930576E-01 a      1195     0    50     1    19
  3.8817145352592847E-01 a      1196     0    50     1    20
  2.2025649904249770E-02 a      1197     0    50     1    21
 -7.9774674653763222E-01 a      1198     0    50     1    22
 -1.1586214092519342E+00 a      1199     0    50     1    23
  2.5106423874625161E-01 a      1200     0    50     1    24
  4.1807508211494071E-01 a      1201     0    51     1     1
 -3.1828038160919814E-01 a      1202     0    51     1     2
  6.0292567848043999E-01 a      1203     0    51     1     3
 -6.3772418090532323E-01 a      1204     0    51     1     4
 -1.5002929240613905E+00 a      1205     0    51     1     5
  3.4113694701777476E-02 a      1206     0    51     1     6
  4.2349201626407218E-01 a      1207     0    51     1     7
  4.2446914642004763E-01 a      1208     0    51     1     8
 -4.2078584434334154E-01 a      1209     0    51     1     9
  3.9887063733464023E-01 a      1210     0    51     1    10
  5.8287506803917477E-01 a      1211     0    51     1    11
  2.0327319615777542E-01 a      1212     0    51     1    12
 -5.6681650415298146E-01 a      1213     0    51     1    13
  1.5464893352230842E+00 a      1214     0    51     1    14
 -1.3399041363320821E-01 a      1215     0    51     1    15
  2.2953438686278804E-01 a      1216     0    51     1    16
  4.2169193740073485E-01 a      1217     0    51     1    17
 -1.2599016105766170E+00 a      1218     0    51     1    18
 -1.9838898872886671E-01 a      1219     0    51     1    19
  3.7316982781426822E-01 a      1220     0    51     1    20
 -1.8522647627788633E-01 a      1221     0    51     1    21
  2.1481313330862206E-01 a      1222     0    51     1    22
  2.8615133111164964E-01 a      1223     0    51     1    23
  1.7260080960012829E+00 a      1224     0    51     1    24
 -2.0453322553165716E+00 a      1225     0    52     1     1
  9.0727607493912898E-01 a      1226     0    52     1     2
 -8.7743620458995519E-01 a      1227     0    52     1     3
 -1.3594389787934988E+00 a      1228     0    52     1     4
 -1.4890213967554167E+00 a      1229     0    52     1     5
 -2.0962518401920023E+00 a      1230     0    52     1     6
 -1.3919312636779599E+00 a      1231     0    52     1     7
  2.5882055870677978E+00 a      1232     0    52     1     8
 -1.1790281370673599E+00 a      1233     0    52     1     9
 -6.1024394963206141E-01 a      1234     0    52     1    10
  1.9931324341697148E+00 a      1235     0    52     1    11
 -2.8690323094334846E-01 a      1236     0    52     1    12
 -2.3547921998929060E+00 a      1237     0    52     1    13
 -2.3817119573594514E+00 a      1238     0    52     1    14
 -1.2763771995381581E+00 a      1239     0    52     1    15
 -1.6016960495427643E-01 a      1240     0    52     1    16
  1.2651071342528100E-01 a      1241     0    52     1    17
 -1.9340373040511452E+00 a      1242     0    52     1    18
  2.6166168095598814E+00 a      1243     0    52     1    19
 -2.3769666711311452E+00 a      1244     0    52     1    20
  2.2030044664777848E+00 a      1245     0    52     1    21
  2.8316455357954928E-01 a      1246     0    52     1    22
 -7.3335184567267753E-01 a      1247     0    52     1    23
  1.7383728999407115E+00 a      1248     0    52     1    24
  1.2689351817757927E-01 a      1249     0    53     1     1
 -2.0930778286369556E+00 a      1250     0    53     1     2
  2.1507999656644192E+00 a      1251     0    53     1     3
 -8.9327693359564064E-01 a      1252     0    53     1     4
  1.1532049671477902E+00 a      1253     0    53     1     5
  1.7621483675493574E+00 a      1254     0    53     1     6
  2.4814608927258046E+00 a      1255     0    53     1     7
  1.3044796720406138E+00 a      1256     0    53     1     8
  1.4117214938209792E+00 a      1257     0    53     1     9
 -1.7310955460856776E+00 a      1258     0    53     1    10
 -1.8000731190864472E+00 a      1259     0    53     1    11
  5.8036079520852546E-01 a      1260     0    53     1    12
  9.4130338347732623E-01 a      1261     0    53     1    13
  3.0843773207222323E+00 a      1262     0    53     1    14
  3.8011602461038110E+00 a      1263     0    53     1    15
 -6.5533310083169416E-01 a      1264     0    53     1    16
 -8.1874313052397910E-02 a      1265     0    53     1    17
 -1.8056724264788933E+00 a      1266     0    53     1    18
  1.3598591438377675E-01 a      1267     0    53     1    19
 -3.1324801792545514E+00 a      1268     0    53     1    20
 -2.4666355110045313E-01 a      1269     0    53     1    21
  1.8602929644592507E+00 a      1270     0    53     1    22
 -5.6083455480792510E-01 a      1271     0    53     1    23
  1.9690592363139019E+00 a      1272     0    53     1    24
  1.0588062004567003E-01 a      1273     0    54     1     1
 -2.1066502150990725E+00 a      1274     0    54     1     2
 -1.6319864389517005E+00 a      1275     0    54     1     3
 -9.8809777634660467E-01 a      1276     0    54     1     4
  2.5245075455020034E+00 a      1277     0    54     1     5
  3.2862892181231701E-02 a      1278     0    54     1     6
 -4.7312283156154361E-01 a      1279     0    54     1     7
  5.7417549001307622E-01 a      1280     0    54     1     8
  2.3997965600425153E+00 a      1281     0    54     1     9
 -2.9682366319529234E+00 a      1282     0    54     1    10
 -3.0401326072548533E+00 a      1283     0    54     1    11
 -1.1099060340729425E+00 a      1284     0    54     1    12
  2.4360229375105128E-02 a      1285     0    54     1    13
  8.2222084128989892E-01 a      1286     0    54     1    14
  5.5592910428396780E-01 a      1287     0    54     1    15
  1.5473727647504392E+00 a      1288     0    54     1    16
  1.9710688701379677E+00 a      1289     0    54     1    17
 -4.5065300220196297E-01 a      1290     0    54     1    18
 -2.6969564809655444E+00 a      1291     0    54     1    19
 -3.7038016428826648E+00 a      1292     0    54     1    20
 -1.7736140734880959E+00 a      1293     0    54     1    21
  2.5980595576521148E+00 a      1294     0    54     1    22
 -4.6573244220914320E+00 a      1295     0    54     1    23
 -1.1665415934647825E+00 a      1296     0    54     1    24
 -4.6789145957911851E+00 a      1297     0    55     1     1
 -6.5146725238233838E-01 a      1298     0    55     1     2
 -2.4057696026275896E-01 a      1299     0    55     1     3
  4.2112854368518021E-01 a      1300     0    55     1     4
  6.0995276527197744E+00 a      1301     0    55     1     5
  2.5819130562086419E+00 a      1302     0    55     1     6
  2.1251370648403953E+00 a      1303     0    55     1     7
  9.3531086812493591E-01 a      1304     0    55     1     8
  5.3521324978662674E+00 a      1305     0    55     1     9
 -2.8543229283483877E+00 a      1306     0    55     1    10
 -2.7484098552165603E+00 a      1307     0    55     1    11
 -2.1682557078186204E+00 a      1308     0    55     1    12
  2.5668681721853601E+00 a      1309     0    55     1    13
 -4.9263344011629320E+00 a      1310     0    55     1    14
  2.0793635192641093E+00 a      1311     0    55     1    15
  1.0844354845156357E+00 a      1312     0    55     1    16
  4.8321275263913180E-03 a      1313     0    55     1    17
  1.4467852739236340E+00 a      1314     0    55     1    18
  3.5149016960115955E+00 a      1315     0    55     1    19
 -6.1876650105365503E+00 a      1316     0    55     1    20
  9.1543170857008738E-01 a      1317     0    55     1    21
  1.7340254432677971E+00 a      1318     0    55     1    22
 -1.9700338364168226E+00 a      1319     0    55     1    23
 -2.2358776462444965E+00 a      1320     0    55     1    24
 -6.5182682961506833E-01 a      1321     0    56     1     1
 -4.9827801229407855E+00 a      1322     0    56     1     2
 -4.3781787288871632E+00 a      1323     0    56     1     3
 -6.7561677395549069E-01 a      1324     0    56     1     4
  5.3591662112768548E+00 a      1325     0    56     1     5
  9.8500541515219364E-01 a      1326     0    56     1     6
 -9.4202692023708556E-01 a      1327     0    56     1     7
 -1.6965201044292297E+00 a      1328     0    56     1     8
  1.6620170456104697E+00 a      1329     0    56     1     9
 -2.9790388848289795E+00 a      1330     0    56     1    10
 -5.2246316370996642E+00 a      1331     0    56     1    11
 -2.3251301303539744E+00 a      1332     0    56     1    12
  3.5180506962257043E+00 a      1333     0    56     1    13
 -1.1873610135017243E+00 a      1334     0    56     1    14
  9.6797182926566094E-01 a      1335     0    56     1    15
  1.2109920506952538E+00 a      1336     0    56     1    16
 -3.4043653551189018E-01 a      1337     0    56     1    17
  4.6539910637073847E+00 a      1338     0    56     1    18
 -4.5728358124330208E+00 a      1339     0    56     1    19
 -6.4723448781765969E+00 a      1340     0    56     1    20
 -4.3583764185154577E+00 a      1341     0    56     1    21
  2.3760710946755865E+00 a      1342     0    56     1    22
 -6.3860831064908652E+00 a      1343     0    56     1    23
 -7.8927981936362368E+00 a      1344     0    56     1    24
  3.8384497780065940E-01 a      1345     0    57     1     1
  6.9339273475661767E-01 a      1346     0    57     1     2
  3.8400113903788619E-01 a      1347     0    57     1     3
  3.3283857167738815E+00 a      1348     0    57     1     4
 -9.7546733980600808E-01 a      1349     0    57     1     5
 -2.2379944699238274E+00 a      1350     0    57     1     6
 -1.5654147464866282E+00 a      1351     0    57     1     7
  2.3374606389113652E+00 a      1352     0    57     1     8
  2.9382428850058812E-01 a      1353     0    57     1     9
  8.1150839588758428E-01 a      1354     0    57     1    10
 -1.1722100544641121E+00 a      1355     0    57     1    11
 -4.7406843424091072E-01 a      1356     0    57     1    12
 -2.7447190946388482E+00 a      1357     0    57     1    13
 -1.2433901988107636E+00 a      1358     0    57     1    14
 -7.3427273675411586E-01 a      1359     0    57     1    15
  1.0549706330651281E+00 a      1360     0    57     1    16
  2.3099401356641674E-01 a      1361     0    57     1    17
 -3.6452787720592834E+00 a      1362     0    57     1    18
  4.3085036657493431E-01 a      1363     0    57     1    19
 -3.0872493391577316E+00 a      1364     0    57     1    20
  7.8099585827659102E-01 a      1365     0    57     1    21
 -1.5765885457184718E+00 a      1366     0    57     1    22
  2.3233219342378586E-01 a      1367     0    57     1    23
 -1.0128330696153969E+00 a      1368     0    57     1    24
  5.3380453628896856E+00 a      1369     0    58     1     1
 -4.9813610810095277E+00 a      1370     0    58     1     2
  9.6363752626279418E+00 a      1371     0    58     1     3
  7.3543663605912224E+00 a      1372     0    58     1     4
 -4.3450114498422937E-01 a      1373     0    58     1     5
  6.4652268370317376E+00 a      1374     0    58     1     6
  7.6266283110717845E+00 a      1375     0    58     1     7
  2.5055505093280734E+00 a      1376     0    58     1     8
  6.3747672384939165E+00 a      1377     0    58     1     9
  4.4092831815956197E+00 a      1378     0    58     1    10
 -2.8258122822198983E-01 a      1379     0    58     1    11
  2.9171641713299272E+00 a      1380     0    58     1    12
 -1.8468811460262626E+00 a      1381     0    58     1    13
 -3.1350268918506236E-01 a      1382     0    58     1    14
  2.0206989495595340E+00 a      1383     0    58     1    15
  3.6258482476814020E+00 a      1384     0    58     1    16
  2.2283782691100407E+00 a      1385     0    58     1    17
 -3.6506290346486447E+00 a      1386     0    58     1    18
 -6.8270909158838124E+00 a      1387     0    58     1    19
  1.0811857477213371E+01 a      1388     0    58     1    20
 -3.8625307327260834E+00 a      1389     0    58     1    21
 -2.8734751389499089E+00 a      1390     0    58     1    22
  8.7046846611502868E+00 a      1391     0    58     1    23
  1.2011191532523370E+01 a      1392     0    58     1    24
  3.4656186153192179E+00 a      1393     0    59     1     1
  3.7977358573091688E+00 a      1394     0    59     1     2
 -4.9227507581370622E+00 a      1395     0    59     1     3
  2.7463007727175497E+00 a      1396     0    59     1     4
  5.8978456523029905E+00 a      1397     0    59     1     5
 -5.8322092269791392E+00 a      1398     0    59     1     6
 -4.8967094092487740E+00 a      1399     0    59     1     7
  9.6744350642084846E+00 a      1400     0    59     1     8
 -2.8833009273015819E+00 a      1401     0    59     1     9
 -3.9774715675504151E+00 a      1402     0    59     1    10
  1.2536119732446654E+01 a      1403     0    59     1    11
 -6.9919164191851679E-01 a      1404     0    59     1    12
 -3.8223114067349053E+00 a      1405     0    59     1    13
 -4.3530500077674557E+00 a      1406     0    59     1    14
  4.9858285549536134E+00 a      1407     0    59     1    15
 -1.6177589858826813E+00 a      1408     0    59     1    16
  3.6403600278943178E+00 a      1409     0    59     1    17
 -6.3271660097972307E+00 a      1410     0    59     1    18
  4.8686468958531381E-01 a      1411     0    59     1    19
 -5.0844668716187176E+00 a      1412     0    59     1    20
  2.9345932246124296E+00 a      1413     0    59     1    21
 -2.7160983454571870E+00 a      1414     0    59     1    22
  3.7997798914186127E+00 a      1415     0    59     1    23
  4.9193886249249195E+00 a      1416     0    59     1    24
  3.9354812537357076E-01 a      1417     0    60     1     1
  6.1432335228296777E+00 a      1418     0    60     1     2
  2.0572030942043962E+00 a      1419     0    60     1     3
 -2.5456316359704050E+00 a      1420     0    60     1     4
 -5.1345317175853893E+00 a      1421     0    60     1     5
 -5.1892041091737653E+00 a      1422     0    60     1     6
  1.4049690148978966E+00 a      1423     0    60     1     7
  3.6953566949667125E+00 a      1424     0    60     1     8
 -3.5249576043619775E+00 a      1425     0    60     1     9
 -2.9168460704341991E-02 a      1426     0    60     1    10
  2.6516621221370964E+00 a      1427     0    60     1    11
  1.9605517825226022E+00 a      1428     0    60     1    12
 -2.9575959920429220E+00 a      1429     0    60     1    13
  4.3759859074635514E+00 a      1430     0    60     1    14
 -1.9464795846720961E-01 a      1431     0    60     1    15
 -2.0288064043598935E+00 a      1432     0    60     1    16
 -2.7069212729672771E+00 a      1433     0    60     1    17
 -3.7781611872606562E+00 a      1434     0    60     1    18
  2.3750805194140949E+00 a      1435     0    60     1    19
 -4.1998380364945831E+00 a      1436     0    60     1    20
  1.9573699065996406E+00 a      1437     0    60     1    21
  2.0486045938395923E+00 a      1438     0    60     1    22
  2.0999166721814393E+00 a      1439     0    60     1    23
  3.2899638115278971E+00 a      1440     0    60     1    24
 -1.0169062254642882E+00 a      1441     0    61     1     1
  8.0088726923373930E+00 a      1442     0    61     1     2
  7.8563762976447582E-01 a      1443     0    61     1     3
  1.3445844175604738E+00 a      1444     0    61     1     4
 -2.9905643323973643E+00 a      1445     0    61     1     5
 -6.1526371578640546E+00 a      1446     0    61     1     6
 -2.7366723956465977E+00 a      1447     0    61     1     7
  4.8334216122171973E+00 a      1448     0    61     1     8
 -6.6517855222088917E-01 a      1449     0    61     1     9
 -1.4637000591683715E+00 a      1450     0    61     1    10
  5.6343193283830866E+00 a      1451     0    61     1    11
  1.3594807530356108E+00 a      1452     0    61     1    12
 -4.4811581753175815E+00 a      1453     0    61     1    13
  1.7683232027274924E+00 a      1454     0    61     1    14
 -2.8171723171346208E-01 a      1455     0    61     1    15
  3.5473863807208933E-01 a      1456     0    61     1    16
 -7.5635143940388422E-02 a      1457     0    61     1    17
 -6.3326900785162215E+00 a      1458     0    61     1    18
  4.7158516113515541E+00 a      1459     0    61     1    19
 -4.6890959485978732E+00 a      1460     0    61     1    20
  3.9764150933078470E+00 a      1461     0    61     1    21
 -2.9410296902224459E-01 a      1462     0    61     1    22
  2.9090946362031311E+00 a      1463     0    61     1    23
  3.4162088301569238E+00 a      1464     0    61     1    24
 -1.0817186837615671E+00 a      1465     0    62     1     1
  4.2591779969318244E+00 a      1466     0    62     1     2
 -7.9979689156390565E-01 a      1467     0    62     1     3
 -2.1159827155015813E+00 a      1468     0    62     1     4
 -7.5236411104031760E+00 a      1469     0    62     1     5
 -3.0092335184196117E+00 a      1470     0    62     1     6
 -2.3410850462793604E+00 a      1471     0    62     1     7
  9.8852628257478381E-01 a      1472     0    62     1     8
 -4.9164786683426378E+00 a      1473     0    62     1     9
 -2.0712517169398739E+00 a      1474     0    62     1    10
  7.5164406776358677E+00 a      1475     0    62     1    11
  3.0516861656495573E+00 a      1476     0    62     1    12
 -6.1270291494369344E-01 a      1477     0    62     1    13
  8.8675834549713830E+00 a      1478     0    62     1    14
 -1.7228689994342397E-01 a      1479     0    62     1    15
 -1.6806255929957119E+00 a      1480     0    62     1    16
  3.5768800383558745E+00 a      1481     0    62     1    17
 -4.4068170644471021E+00 a      1482     0    62     1    18
  6.7404566631879503E-01 a      1483     0    62     1    19
 -8.0877027834801165E+00 a      1484     0    62     1    20
  2.0916071814301409E+00 a      1485     0    62     1    21
 -1.0674074213885605E+00 a      1486     0    62     1    22
 -9.8620776762528839E-01 a      1487     0    62     1    23
  4.5901009239047097E+00 a      1488     0    62     1    24
  9.5792011902035312E-01 a      1489     0    63     1     1
  3.7040610696080902E+00 a      1490     0    63     1     2
 -7.6677259891914284E-01 a      1491     0    63     1     3
 -8.6578883314715060E-01 a      1492     0    63     1     4
 -4.0659587739088892E+00 a      1493     0    63     1     5
 -3.5663845174600621E+00 a      1494     0    63     1     6
  3.4868411121339710E-01 a      1495     0    63     1     7
  3.8120059453087913E+00 a      1496     0    63     1     8
 -1.0031598574225216E+00 a      1497     0    63     1     9
  4.9292791707258982E-01 a      1498     0    63     1    10
  1.6948712993302848E+00 a      1499     0    63     1    11
  1.0541054326172448E+00 a      1500     0    63     1    12
 -2.4738985759386427E+00 a      1501     0    63     1    13
  1.9117840658677918E+00 a      1502     0    63     1    14
  2.1726914986275989E-01 a      1503     0    63     1    15
  4.7670761980506231E-02 a      1504     0    63     1    16
 -2.2406633842911767E+00 a      1505     0    63     1    17
 -4.1276513728591944E+00 a      1506     0    63     1    18
  3.9476491912565975E-01 a      1507     0    63     1    19
 -1.8642031304808930E+00 a      1508     0    63     1    20
  1.9370087946126755E+00 a      1509     0    63     1    21
  1.0690118259540380E+00 a      1510     0    63     1    22
  1.3459640744746530E+00 a      1511     0    63     1    23
  1.3760468806788115E+00 a      1512     0    63     1    24
  2.6199602835529228E+00 a      1513     0    64     1     1
  7.6708801162064804E+00 a      1514     0    64     1     2
 -4.9141849483559046E+00 a      1515     0    64     1     3
  2.9021623873715368E+00 a      1516     0    64     1     4
 -9.3269906057157623E+00 a      1517     0    64     1     5
 -9.0149234683624861E+00 a      1518     0    64     1     6
 -7.2307006657707831E+00 a      1519     0    64     1     7
 -1.4052175768273340E+01 a      1520     0    64     1     8
 -1.4368349696094340E+00 a      1521     0    64     1     9
 -6.0150993454045478E+00 a      1522     0    64     1    10
  9.1735374006038679E+00 a      1523     0    64     1    11
  4.5721393152483989E+00 a      1524     0    64     1    12
  1.8961490803942034E+00 a      1525     0    64     1    13
  1.7379060551161164E+01 a      1526     0    64     1    14
 -3.5650582113079121E-01 a      1527     0    64     1    15
  3.2974549133317645E+00 a      1528     0    64     1    16
  4.9431862523773322E+00 a      1529     0    64     1    17
 -3.6562005246290403E+00 a      1530     0    64     1    18
  4.5041453687770607E+00 a      1531     0    64     1    19
 -7.3247375460286346E+00 a      1532     0    64     1    20
  1.8834344776558793E+00 a      1533     0    64     1    21
 -1.3877087893658913E+00 a      1534     0    64     1    22
 -3.8214664892656347E+00 a      1535     0    64     1    23
 -5.8273257537092524E+00 a      1536     0    64     1    24
  5.5733372750028987E-01 b      1537     1     1
  1.6653916242459779E-01 b      1538     1     2
  3.4709378204466441E-04 b      1539     1     3
  4.2950304050044963E-01 b      1540     1     4
  1.3192447871154631E-01 b      1541     1     5
  2.8023318970498950E-01 b      1542     1     6
  1.2832307426296888E-01 b      1543     1     7
  1.6604696993256476E-01 b      1544     1     8
  3.1265167528656651E-01 b      1545     1     9
  1.2571001954638064E-01 b      1546     1    10
  5.9628517644150980E-01 b      1547     1    11
  1.9439012492543839E-01 b      1548     1    12
  2.2781719378931506E-01 b      1549     1    13
  3.6276122019333379E-01 b      1550     1    14
 -3.2003767615539483E-02 b      1551     1    15
 -3.2794468269695794E-02 b      1552     1    16
 -2.8761676664750968E-01 b      1553     1    17
 -3.8431851608026050E-03 b      1554     1    18
  2.5734107226346020E-01 b      1555     1    19
  5.0310015589877455E-01 b      1556     1    20
 -3.5056368950545660E-02 b      1557     1    21
  9.1942162420542897E-03 b      1558     1    22
 -3.4795895700767868E-02 b      1559     1    23
  1.9932455661498605E-01 b      1560     1    24
  1.3637996277565512E-01 a      1561     1     1     2     1
  6.1258899454458407E-02 a      1562     1     1     2     2
 -2.8431869813819188E-01 a      1563     1     1     2     3
  2.6460256350979477E-01 a      1564     1     1     2     4
  1.0332913985428893E+00 a      1565     1     1     2     5
  3.6922037629374371E-01 a      1566     1     1     2     6
  2.7500486435815232E-02 a      1567     1     1     2     7
 -8.9875159377916666E-02 a      1568     1     1     2     8
 -8.4346135168198944E-02 a      1569     1     1     2     9
 -1.0897947091650863E-01 a      1570     1     1     2    10
 -5.9121151730808752E-01 a      1571     1     1     2    11
 -5.4348390769639343E-01 a      1572     1     1     2    12
  3.4647977128142865E-01 a      1573     1     1     2    13
  3.6968351097883295E-01 a      1574     1     1     2    14
  7.0317928412817809E-01 a      1575     1     1     2    15
  7.8873096861901515E-01 a      1576     1     1     2    16
 -9.1340802265750787E-01 a      1577     1     1     2    17
  9.5605077250925308E-01 a      1578     1     1     2    18
  2.4704633735821008E-01 a      1579     1     1     2    19
  6.3814970387721281E-01 a      1580     1     1     2    20
  7.0104179178023848E-02 a      1581     1     1     2    21
 -1.3800266381176105E+00 a      1582     1     1     2    22
  4.5938350122114857E-01 a      1583     1     1     2    23
 -1.4847489212746356E-01 a      1584     1     1     2    24
  2.4959904738838284E-01 a      1585     1     2     2     1
 -5.4184227524340800E-01 a      1586     1     2     2     2
  1.4007536283081099E+00 a      1587     1     2     2     3
 -7.9927114812529498E-01 a      1588     1     2     2     4
 -8.2797265858309899E-01 a      1589     1     2     2     5
  3.5655053850532026E-01 a      1590     1     2     2     6
  2.0385007635843264E-01 a      1591     1     2     2     7
  9.9536529227583034E-02 a      1592     1     2     2     8
  1.1372322894349953E+00 a      1593     1     2     2     9
 -3.2538394327406556E-01 a      1594     1     2     2    10
  1.2226222426384750E+00 a      1595     1     2     2    11
 -6.9557333552707123E-01 a      1596     1     2     2    12
 -1.5017962372167376E-01 a      1597     1     2     2    13
  1.4772415987904988E-01 a      1598     1     2     2    14
 -1.3869460993380723E-02 a      1599     1     2     2    15
  1.1085119329644071E+00 a      1600     1     2     2    16
 -6.7290490240493961E-01 a      1601     1     2     2    17
  7.0037836693643274E-01 a      1602     1     2     2    18
  9.7206546953919637E-01 a      1603     1     2     2    19
 -1.9819527733710363E-01 a      1604     1     2     2    20
  3.0343159354689597E-01 a      1605     1     2     2    21
 -2.6454382637024459E-01 a      1606     1     2     2    22
  3.3181975602784364E-01 a      1607     1     2     2    23
 -1.6385400047345816E-01 a      1608     1     2     2    24
  6.5220955585759288E-01 a      1609     1     3     2     1
  2.6169739228380373E-01 a      1610     1     3     2     2
  1.9088862467518177E+00 a      1611     1     3     2     3
 -3.5063966488470246E+00 a      1612     1     3     2     4
  6.1330038709041679E-01 a      1613     1     3     2     5
  4.5918659969167491E-01 a      1614     1     3     2     6
  2.0035779896111761E-01 a      1615     1     3     2     7
 -2.3177792664121333E-01 a      1616     1     3     2     8
 -2.2678289227479334E-01 a      1617     1     3     2     9
 -3.1574870160626695E-01 a      1618     1     3     2    10
  7.3836362570686187E-01 a      1619     1     3     2    11
  7.5939541186063919E-01 a      1620     1     3     2    12
 -9.7497733971279976E-01 a      1621     1     3     2    13
 -2.1955111182778553E-01 a      1622     1     3     2    14
 -4.8252280279374349E-01 a      1623     1     3     2    15
  1.3688657375774089E+00 a      1624     1     3     2    16
  6.2186008305624603E-02 a      1625     1     3     2    17
  4.2454632055125924E-01 a      1626     1     3     2    18
  1.4044427782812313E-02 a      1627     1     3     2    19
