      0.2940827169
      0.2403990698
     -0.0533742719
      0.1413787795
      0.0143224160
     -0.2945042330
      0.0131194592
      0.5839869741
     -0.4070069614
      0.4689340135
      0.2237682710
      0.1160446238
      0.1246021100
      0.2625954456
      0.5676709829
      0.2351893205
     -0.0002699989
      0.1948202125
     -0.3197565516
     -0.3141475638
      0.3143472306
      0.1154011931
     -0.0343834298
     -0.4491032104
     -0.8599928152
     -0.1291368355
     -0.3990312895
      0.5154549915
      0.0074196265
     -0.2386875080
      0.1182783150
     -0.4381419894
     -0.4292841700
      0.1201417126
      0.2294581949
      0.2201941346
     -0.4351824627
     -0.1904817070
      0.4773146969
     -0.5593608782
     -0.5815071881
      0.2126506578
      0.0829219558
      0.6999288179
      0.1997803342
      0.4041065204
     -0.2735146501
     -0.2465711446
     -0.1170531867
      0.3670392159
      0.4131660017
      0.0212347097
      0.1343012967
     -0.0579230499
      0.1872072768
      0.8508631855
     -0.3121102830
     -0.2871896814
      0.3402862245
     -0.0735693886
      0.4502023311
     -0.0250209803
     -1.1485205494
      0.4843753541
     -0.5514734303
      0.0083551518
      0.2216358674
     -0.8436976932
      0.0295612402
     -0.5175917954
      0.2300211249
     -0.7471881524
     -0.0339930565
      0.1584100769
      0.0800826462
      0.2063345587
     -0.3691918604
      0.1368776871
     -0.2336459643
      0.3379642196
     -0.1505100785
      0.1958738236
      0.4363295473
     -0.0597899755
      0.0256537214
     -0.1866155892
      0.1112074536
      0.2359731863
      0.0120571823
      0.3864575901
     -0.1144474814
      0.1428358449
      0.1116031872
      0.1395455200
     -0.0263519345
     -0.3062635671
      0.4815886841
      0.0171955498
     -0.0995643188
      0.0687147893
     -0.3105689343
      0.1006517939
      0.0117642964
      0.6227709305
     -0.2981629312
      0.3292018394
      0.2686824527
      0.0591217458
      0.4548151552
     -0.3029588764
     -0.4364963032
      0.7742606293
     -0.8679968946
      0.0996154300
     -0.1756231041
     -0.0552623096
      0.6991095015
      0.2895857858
     -0.4038866912
     -0.2223290494
      1.3681285581
     -0.0611549646
     -0.1106528730
      0.3991912677
     -0.2351914203
     -0.2388698296
      0.1906900587
     -0.0439096807
     -0.4364150497
     -0.1622025907
      0.2474171700
     -0.3431480539
     -0.9177920441
     -0.2164857380
      1.1265715591
      0.5983240083
      0.0623881692
      0.1919435840
      1.0339623676
      0.1437225602
      0.4210430844
      0.0647904374
     -0.3676550973
     -0.3554133463
      1.2414628212
      0.2165742673
     -0.1113017456
      0.8584505472
      0.2029231177
     -0.0890034749
     -0.1427368222
      0.1044384980
      0.5063432081
     -0.2207247215
     -0.0341095065
     -0.1685531164
     -1.6342787010
      0.0570940196
      1.7707385516
     -0.1791330762
     -0.2879227823
     -0.8046159598
      2.6136458633
     -0.0424280918
      0.3829536961
     -0.0766751560
      0.2873547988
     -0.3555971619
      3.2660494496
     -0.1657870502
     -0.1359313466
     -0.0984817088
     -0.3299956466
     -0.2267994642
      0.2472443571
      0.4198193806
      0.1869252379
      0.4070159864
      0.2138329045
     -0.1891850296
     -0.4198312670
     -0.3138034911
      0.9433434510
      0.6961513667
     -0.3534933454
      0.2214623768
      1.1143551094
     -0.4502019459
      0.3844572667
     -0.1748835117
     -0.1959009636
     -0.3480053980
     -0.7543430535
      0.1988266954
      0.3380722970
      0.0182702282
     -0.1051348634
     -0.0633078134
     -0.2471301559
      0.1681604503
     -0.0053224057
      0.3520006550
      0.4260119045
     -0.0252536758
      0.3755967922
     -0.0612254907
     -0.6202814602
      0.2006544007
     -0.0781782939
      0.1223150376
     -0.3938674373
      0.2611313692
     -0.3250591570
      0.2688437835
      0.0565625870
      0.2166549694
     -0.1704022048
      0.0671166225
      0.0838090244
      0.0807162674
      0.1679530799
     -0.4023770718
      0.1503459318
     -0.1232185477
     -0.4406754883
     -0.1164126790
      0.2264348353
     -0.3930856894
      0.4150373966
     -0.1730429700
     -0.1138854964
     -0.0727977065
     -0.1686684130
     -0.1767341054
     -0.4355199036
      0.2151936019
      0.1285400659
      0.1619063788
     -0.3610167469
      0.0152668305
     -1.4977174762
      0.2956898596
     -0.1693666781
     -0.3423837075
      0.3418444475
     -0.3544680297
     -0.2188372760
      0.2355911639
     -0.2900922211
      0.3128694411
     -0.1942145771
      0.0686529552
      1.1691129824
     -0.0372252023
     -1.2112704930
      0.1476248085
     -0.4889684505
     -0.0212007011
     -0.4225252560
     -0.4809502455
     -0.2775073282
     -0.0209486445
     -0.0116671430
     -0.3554667794
      0.0583561914
      0.0358176529
     -0.1033367367
      0.0728243613
      0.3724772289
     -0.0406637304
     -0.0517320242
      0.0331363565
      0.0080442743
     -0.0198380477
     -0.1950190519
      0.0494291913
     -0.1194892094
      0.0480240960
      0.4494097508
      0.0581531974
     -0.2323427362
     -0.3054113260
      0.3019690934
      0.2076073850
     -0.0157053907
      0.2163011114
      0.3501210169
      0.1081549265
      0.1937445360
      0.0161182615
      0.2892940378
      0.0749472427
     -0.3250069684
      0.1457618442
     -0.0189052684
      0.0843105634
      0.3107720086
      0.3594970896
     -0.3477668657
     -0.1979721032
      0.2123829547
     -0.1825680915
     -0.0327368988
      0.1360881227
      0.2835949452
      0.4585410942
      0.2587154045
      0.0150173543
      0.3561497263
      0.1289865394
     -0.2078083674
      0.0454941133
     -0.0509591232
     -0.1021525484
      0.0650421560
     -0.4819790456
     -0.1678780222
      0.7811338359
     -0.1641645419
      0.3409068885
      0.3279091874
     -0.0694679898
      0.4941795146
      0.6726833390
      0.1556134994
     -0.3505737705
      0.5701347726
     -0.3520767781
      0.1200094311
      0.4668721676
     -0.2710520316
      0.2125771754
      0.0205210373
     -0.3317723390
     -0.1826387967
      0.1611700299
      0.8176516430
     -0.0328942977
     -0.1352581290
     -0.2953889673
     -0.1273870490
      0.1544106582
     -0.1307677048
     -0.3735488789
      0.1336949826
     -0.2781614659
     -0.0930490691
     -0.2354047269
     -0.8670453476
      0.1443870881
      0.2193762272
      0.0382603302
     -0.0517009200
      0.0942851969
      0.4684873230
      0.0878184571
      0.1920410522
     -0.3494297519
      0.5024089193
      0.2318269253
      0.0336162199
     -0.2347707245
      0.3329667279
      0.1663145111
      0.2724240152
     -0.2329572040
     -0.2112856591
      0.0375302064
      0.1050306176
     -0.2122606223
     -0.1677148413
      0.1033276451
      0.1998269553
      0.4119448820
      0.6541728399
      0.4439505306
      0.1437955908
     -0.6225919736
     -0.0025053529
      0.0087949813
     -0.2829163577
     -0.1408625957
      0.0750282491
     -0.1294981442
      0.1043776955
     -0.2789419459
      0.2550067764
     -0.1889160362
      0.0377953727
     -0.4054056718
      0.0109088138
     -0.1967638322
      0.2919503402
      0.2526126368
      0.1143453685
     -0.6364131206
      0.3414177991
     -0.6165218486
      0.3689335789
     -0.2278640564
      0.4588080920
      0.0880168987
     -0.2443116308
      0.2337217291
     -0.1623395389
     -0.0952625427
     -0.5943374447
      0.0997600707
      0.3900515254
     -0.0161618366
     -0.0340052846
      0.4244385720
      0.2538819279
     -0.1208744208
      0.1875108325
     -0.2757089319
      0.3825607042
      0.1452525668
     -0.0622505608
      0.2863427386
     -0.3518940191
     -0.2478593285
     -0.2591780385
      0.1115920896
      0.0053846049
     -0.1970886515
     -0.0300480615
     -0.2693940547
      0.5954040628
     -0.7884795600
      0.0041811550
     -0.0140598916
      0.3441889066
     -0.1007306899
     -0.0594941834
      0.3759265006
      0.2047280903
     -0.2072070278
      0.0420618486
     -0.3217532062
     -0.1710523275
     -0.2139993954
      0.0887150327
     -0.2865871510
     -0.4408167722
     -0.0970973032
      0.0552104047
     -0.1054296361
      0.1153226290
      0.0787985885
      0.4146389805
     -0.0070167925
     -0.1445806875
      0.1668554045
      0.1318068933
      0.1403234672
      0.1841413430
     -0.1280692919
     -0.1318304898
      0.1634694935
     -0.3258242831
     -0.2294390195
     -0.1587653128
     -0.0272190838
      0.0525654660
      0.1530354364
     -0.0052409472
     -0.6926491802
     -0.1810772072
      0.0116376038
     -0.2912425243
      0.1324880179
      0.3714484211
      0.1166237012
      0.5726813858
     -0.4245080412
     -0.2696072144
      0.0252933406
     -0.0574852257
     -0.0924396299
      0.8313189161
      0.0883253713
     -0.2125691268
      0.0482907049
      0.1880469520
     -0.2075386954
     -0.1708439796
     -0.4595680530
     -0.2187303068
      0.1351851898
     -0.3574099850
      0.0364069159
     -0.6543340059
     -0.0681735725
      1.1485868575
      0.0814158633
      0.6620998516
     -0.2309539401
      0.7150997147
      0.3477652188
      0.2936817172
      0.4356152459
     -0.3791165439
      0.0530066389
     -0.1971641953
     -0.1090944624
     -0.0098677547
      0.1452158567
      0.3007825328
     -0.1218009575
      0.1219012009
     -0.0730670982
      0.0361173531
     -0.1920765689
     -0.2973821791
     -0.1699194230
      0.1521843229
     -0.0456364018
     -0.3324420987
      0.1655976509
     -0.1267877336
     -0.3092101738
     -0.2163724444
      0.0969972129
     -0.1802423779
      0.0273393047
     -0.4752754544
      0.1140310886
     -0.1280307130
     -0.5378216755
     -0.0710714525
      0.0844877488
      0.0101450538
     -0.0775716997
     -0.1431778124
     -0.0115841651
     -0.1999408023
      0.0645672875
     -0.3545913502
      0.3309999115
      0.0834401632
      0.0208299839
     -0.3557414378
      0.1040040314
     -0.3125452873
      0.1749531850
     -0.2213486142
      0.0766533563
      0.1847546237
      0.2766759881
     -0.0104699479
     -0.1014560942
     -0.5418743107
     -0.1625829768
      0.0266482094
     -0.0809181240
      0.0932463581
     -0.2614820321
     -0.0946084884
      0.3909614207
     -0.0816474044
      0.0055625629
     -0.2393320518
     -0.5672156502
      0.8305925522
      0.2137316822
     -0.4679460261
      0.1672752871
     -0.4616552639
      0.0042955161
     -0.1798939525
      0.0781771382
     -0.2470860892
     -0.0014595286
      0.2331648994
      0.5644028698
     -0.3848342070
      0.1823072306
      0.4492024113
     -0.0750907245
      0.1812449946
     -0.0696251839
     -0.2724744241
      0.3433470214
     -0.0452925776
      0.0898096369
      0.3243843901
      0.0648443618
     -0.1870033763
      0.0408161186
      0.3273235378
     -0.0781450264
     -0.2168357586
      0.0692860598
     -0.4121748889
     -0.0381188027
     -0.0680535608
      0.5228343604
     -0.1204588649
      0.1305821162
     -0.0293536897
      0.1240759356
      0.1256221526
      0.1741435480
     -0.2076997045
     -0.5086637291
     -0.1060499728
     -0.0669853604
     -0.1224815599
     -0.0897864510
      0.1161385752
      0.7550739640
     -0.0399459771
     -0.1241600253
     -0.0655973519
      0.0117371842
     -0.0350583477
      0.1221135785
     -0.2650057302
      0.7563766873
      0.0359663790
      0.2485504586
      0.3292805335
     -0.0753288825
     -0.5292213813
      0.3106228520
      0.2990564645
     -0.2076062174
      0.2377905225
      0.2103545944
     -0.1616906359
      0.3401267513
     -0.3424165246
     -0.2886624886
      0.2125421418
     -0.0870932962
      0.7099777439
      0.0771637866
      0.2122632185
      0.0894746870
      0.2334911748
     -0.0213269382
      0.1283105570
      0.0979230143
     -0.1806751309
      0.2580645857
     -0.0851032789
     -0.1358266586
      0.0022004680
      0.0611804001
      0.2954129062
     -0.2396157178
     -0.1188326352
      0.3224235819
      0.0892768960
      0.1047334924
      0.0103043129
     -0.1638631923
     -0.4567052230
      0.0524453538
      0.1115535068
     -0.3441631247
      0.0069749217
      0.1242864860
      0.2054379610
     -0.0447581099
     -0.0079002056
      0.0718162645
      0.0887951127
     -0.0760047215
      0.0930046052
     -0.0951268264
     -0.1835778948
     -0.1800522261
     -0.1947684527
     -0.2916180992
      0.0005952768
      0.0739523488
      0.2360785173
      0.1704805485
      0.1613184204
     -0.0654854632
      0.0441880729
     -0.2259339188
      0.0413760970
     -0.0724333348
      0.3975427487
     -0.0833387396
      0.0629129030
      0.0806122223
     -0.0594114807
     -0.3182850368
      0.0705147508
     -0.0534528768
     -0.2397733202
     -0.0632214586
     -0.0962192416
     -0.0576273870
     -0.0752798534
     -0.1596400348
      0.1142143385
      0.1933642944
     -0.2736383407
      0.2032529802
      0.7246805006
     -0.1451841692
     -0.2045971557
      0.2290767807
     -0.4419851027
      0.7943791695
     -0.3004194602
     -0.2919172726
      0.0203408001
      0.4339516574
     -0.4551072817
     -0.5723839221
     -0.2435413723
     -0.2797395844
      0.1996991960
      0.2194288484
     -0.0297910351
     -0.2597821641
      0.0186986609
     -0.4369013037
      0.0820807696
     -0.3048320527
     -0.3642250733
      0.3222722429
     -0.0956006364
     -0.4353192582
      0.0156276574
     -0.0844317782
      0.0400023617
     -0.1933640761
      0.3048848885
     -0.0550800757
     -0.0361885584
     -0.0679508097
     -0.1845706137
     -0.1124943450
     -0.2074351522
     -0.2441067266
      0.2909000096
     -0.2151597980
     -0.4031083502
      0.0287421874
      0.2594830435
      0.1805530898
     -0.3225400772
      0.0420804333
      0.2260234667
      0.0850147548
      0.3839117111
      0.0352861256
      0.3957872270
      0.2848404423
      0.2592528647
     -0.1033627801
     -0.5378278727
     -0.0518692554
     -0.1698836433
     -0.1910320213
     -0.6885318540
     -0.2669826536
     -0.1311400527
     -0.1446077495
      0.4466856166
     -0.0268048050
     -0.3574811826
      0.0508985339
      0.0003789947
      0.1128236063
      0.2737217776
     -0.2583057134
     -0.2438265431
      0.1836533937
     -0.0139994451
     -0.0611371670
      0.1397973102
     -0.1203298566
      0.6878491735
     -0.1022311174
     -0.2784672587
      0.1309181764
     -0.0770674331
      0.1810422479
     -0.8038805848
     -0.1689756442
     -0.5247337299
     -0.3174055183
     -0.2175538726
     -0.1599557372
     -0.0205166367
      0.1009585631
      0.1807280320
     -0.1569132964
     -0.1264094785
      0.2550464871
      0.0910801905
     -0.0509338214
      0.3075479077
      0.3504880023
      0.1198782975
     -0.1403434416
      0.4506371754
     -0.1404989939
     -0.1863788154
      0.0354142299
     -0.0256458382
     -0.1258318127
     -0.3234545275
     -0.1140369366
     -0.1762035043
     -0.1369945188
     -0.0781726223
     -0.1915695371
     -1.4791338637
     -0.1494080438
     -0.0835655487
     -0.4172350223
     -0.2192889838
     -0.2914861096
     -0.0165572550
      0.4106220278
      0.0155229201
      0.0048464166
      0.1473593444
     -0.1415208021
      2.3407867326
     -0.1358089693
     -1.4598606577
      0.0966399679
     -0.7645800131
     -0.2455130163
     -1.7070654117
     -0.3019403960
     -0.6400367895
     -0.1052219675
     -0.0400509734
      0.1033843801
     -0.0996390343
     -0.2077720015
     -0.1647887127
      0.1929627863
      0.0894838952
      0.0710376104
     -0.3177966788
      0.0496514901
      0.2457282016
     -0.3105414294
     -0.2127506182
     -0.0993379271
      0.1852079220
      0.2586163896
      0.1306008418
      0.2723761045
      0.2195361469
      0.1579329078
     -0.3643902086
      0.1469206074
      0.0124677532
     -0.0337625704
     -0.0242671760
     -0.0809971276
      0.2669261902
     -0.1007074047
     -0.2277901851
      0.2860563306
     -0.0435896040
      0.0117667368
     -0.0436314206
     -0.1343442039
     -0.1366733738
     -0.1707356690
      0.1080029295
     -0.0436757725
     -0.3931133787
      0.1972772036
      0.0080326811
     -0.1567225699
     -0.1440406771
      0.1235461839
     -0.1347847169
      0.3471741538
      0.0445959767
      0.0080317512
     -0.0637632284
      0.0765479292
     -0.2432502513
      0.2354044270
     -0.1755371623
     -0.0667888006
     -0.2154855300
      0.2181609166
      0.1493898006
     -0.1373740008
     -0.0849072413
      0.1141061643
     -0.1974063932
      0.2842387816
      0.3346758089
      0.3208438595
     -0.2345890806
     -0.0276640603
     -0.3837024113
     -0.1868670445
     -0.2327294070
      0.2154995495
     -0.1680775897
      0.2111150701
      0.1663883583
     -0.1475297435
      0.5441501346
      0.2687555281
     -0.3542884429
      0.0407431393
      0.3276912512
      0.1847416989
     -0.2668601500
     -0.0443076269
     -0.4688465747
     -0.1826473968
      0.2580968520
     -0.2796287945
     -0.3666316558
     -0.1690209786
      0.2337144918
     -0.0539706459
      0.2329486701
      0.1129533344
     -0.0679812119
      0.3555594947
      0.4755505562
      0.0810333727
     -0.0924976952
      0.2989570068
     -0.0585960160
     -0.2986291909
     -0.0645945634
      0.2998128133
     -0.0666333500
      0.2669522876
      0.2879641688
      0.0473732036
      0.1656922901
      0.3782838516
     -0.2085832674
     -0.0427932183
      0.2191446429
     -0.2634732572
      0.1997157696
      0.1623587249
      0.1952806254
     -0.1414739329
     -0.1753428136
     -0.1309638062
      0.1425259521
     -0.2839072484
     -0.1415194780
     -0.2366543300
     -0.4787941887
      0.1736606975
      0.2555690763
      0.0513394608
     -0.3546884386
      0.0767038087
      0.3151293193
      0.1349152042
     -0.2062257462
      0.2094330754
      0.2141960567
     -0.0847707168
     -0.0647913415
      0.0596237843
      0.0049793731
     -0.0727968259
     -0.2250999903
     -0.0613098866
      0.1042520749
     -0.1437114964
      0.3272221298
      0.1861277469
      0.0212535858
     -0.1950131609
     -0.9244876764
     -0.0662520859
     -0.0501907778
     -0.1839034819
      0.0868093669
      0.1303634603
     -0.1610294676
      0.1416538775
      0.0697550427
      0.3089046609
     -0.1090175439
      0.1026845150
      1.2589671562
     -0.3175164518
     -0.6682915997
     -0.1092886855
      0.0008515108
     -0.0893649992
     -0.4323300972
      0.0176643815
     -0.7161365789
     -0.0497862891
      0.0511161631
     -0.1067631482
     -0.1223176024
      0.2956407510
      0.0216798515
     -0.4133477616
      0.1955215086
     -0.0806079164
     -0.1475419415
      0.2734407069
      0.0812441788
      0.0772602224
      0.1718489822
     -0.0496227037
      0.3788216144
     -0.1515889287
     -0.4472736180
      0.0717986036
     -0.0037146660
      0.3256587060
     -0.5892109027
     -0.1635883287
     -0.0909861722
     -0.2564942422
      0.1383716770
      0.2253212954
     -0.1926038757
     -0.0945343358
      0.0401391935
     -0.0267804364
      0.1777367412
      0.0153444857
      0.3053274291
     -0.1571989277
      0.2846633578
      0.1686421871
      0.2641491092
      0.1456906784
      0.1649561948
      0.1776864742
      0.2598336807
      0.0784821169
      0.0488062845
     -0.2394866254
     -0.0306440785
      0.3182749782
     -0.2244223174
     -0.2137216557
     -0.0838358193
      0.1714609696
      0.1253901169
     -0.0999223750
      0.2805380389
     -0.0582665365
     -0.0236245494
      0.1364384122
     -0.0716081352
      0.1275465176
     -0.0205846338
     -0.0098050864
     -0.0078541942
      0.1080408650
      0.0170340376
      0.0146709597
     -0.2209835224
     -0.0628731113
      0.1117742534
     -0.1408031069
      0.3369782574
      0.3115016371
      0.3141457640
     -0.1450306181
      0.1030498074
      0.1897296040
      0.3078111956
      0.2274515427
      0.1033786613
      0.0101190252
      0.0709322803
     -0.2671377251
      0.3173891528
     -0.0550545302
     -0.2384538083
     -0.0974410966
      0.2419399935
      0.1923697754
     -0.3032450723
     -0.1138453100
      0.0668749797
      0.0486955218
      0.0809275393
      0.2310838394
     -0.2073619747
      0.1824440359
      0.0626898084
     -0.3235680691
     -0.1177089589
     -0.1783201457
      0.7388221781
     -0.0162630584
      0.0488892786
      0.0651404270
     -0.2800483098
      0.2607055292
     -0.2027176922
     -0.1227989263
      0.0285482638
      0.2352872405
      0.1385830021
     -0.3943539247
     -0.0661384617
     -0.1659920761
      0.4091945452
      0.3735201292
      0.2294068489
      0.2358238558
     -0.3331532220
     -0.0485313329
      0.7133960193
      0.4676586167
     -0.1985467057
      0.0623297016
      0.6999939133
     -0.0378129099
     -0.1832785729
      0.1850343765
      0.2468181781
      0.2906322622
     -0.1724273618
     -0.0079366611
      0.1344636162
      0.1762860793
     -0.2262522137
      0.2115673062
     -0.2758396307
     -0.1928092452
      0.7558565497
      0.3656339257
      0.1245685051
     -0.2147805189
      0.0099395160
      0.3005368720
      0.7862561868
      0.2198710234
      0.1227837094
     -0.2440939062
      0.4068759487
      0.2534008520
      0.0438888188
      0.1406435723
     -0.1160159729
      0.0856452609
     -0.2233872056
     -0.1451201836
     -0.0028285185
      0.0077065891
      0.0839581889
     -0.1570462274
      0.0113374438
     -0.0154825185
      0.5203090253
      0.0853707710
      0.0198351948
     -0.1435300833
     -0.7311480837
     -0.0036580862
      0.1284375351
      0.4368854981
      0.0360930346
      0.1872280239
      0.0638166679
     -0.1454483344
      0.2419478396
      0.3147962531
      0.0455887135
     -0.2994912467
      0.0057845770
      0.1635989182
     -0.1728462548
      0.2164029883
     -0.1775147867
     -0.0814816972
      0.0015334488
     -0.0614340611
     -0.0870871866
      0.2369908341
      0.0268239250
     -0.2211283935
     -0.1756482192
      0.0050754428
     -0.0599641244
     -0.3037610053
     -0.0084158589
     -0.1368827627
      0.0519992469
     -0.3288066758
     -0.1681270486
     -0.2260227506
      0.2862510878
      0.1746069573
     -0.1217188771
     -0.1121038862
     -0.1381893756
      0.2305086175
     -0.2619566907
     -0.0526626528
      0.4659276557
     -0.1857114081
     -0.3308180059
      0.1574307173
      0.0012825625
     -0.2504153094
     -0.1297266154
     -0.0846974805
     -0.1737253264
      0.0481509886
      0.0499981988
      0.2888049267
     -0.2905803006
     -0.1975100789
     -0.0616769839
      0.2210592136
      0.2090228599
     -0.1929937357
     -0.0144163548
      0.1592286448
      0.0904309533
     -0.1213605628
      0.1329204699
      0.1964375454
      0.1004269330
      0.1173680745
     -0.3159367128
      0.1949443068
     -0.2427679262
      0.2457131778
      0.2534933655
     -0.0790052833
      0.2132161122
      0.0512591031
      0.2911296960
     -0.0075784034
      0.6454780069
      0.0133578382
      0.0949008812
     -0.2402080662
      0.1446908120
      0.1319440724
      0.2675056571
     -0.0799713615
      0.2225326796
      0.0200205339
      0.2231963820
      0.2206030190
     -0.2388509650
     -0.0291694086
      0.5211432292
      0.1587530920
     -0.1539666577
     -0.1136340121
      0.0067322608
     -0.0372302372
      0.0085042587
      0.1072581535
      0.0342870001
     -0.2839108625
      0.3436009346
     -0.2958735649
      0.0369717072
      0.3836609461
     -0.1447852109
      0.0959981457
      0.0304580705
     -0.3771863188
     -0.0772158303
      0.1206364523
     -0.0866972262
      0.1150437079
     -0.2779437598
      0.2087791966
      0.7079097605
      0.4888951278
      0.3533032074
     -0.1999572949
      0.2578090798
      0.3196691346
      0.3880350584
     -0.2252307270
     -0.3401340010
      0.1189323309
      0.0474552029
     -0.1227097921
      0.1889059443
      0.2210219002
      0.1472888444
      0.2916664689
     -0.2121974771
      0.3428693127
     -0.1614420762
      0.1844963272
      0.2287297457
      0.2545788021
      0.2467780838
      0.1749076395
     -0.2543878100
      0.2756689523
     -0.0869439147
     -0.0062537760
     -0.4584517785
      0.2991271196
     -0.4272501098
      0.0158741775
      0.0915632107
      0.2279745157
     -0.5496024064
     -0.2339871794
      0.0793588655
     -0.2428893808
      0.0351139220
     -0.2175885851
     -0.1537220909
     -0.3698286514
      0.3745144773
      0.3331108660
     -0.2618282645
     -0.3437599895
     -0.0683874643
     -0.0299955308
     -0.4266293355
     -0.0817856955
     -0.0962720045
      0.0852979684
     -0.3077472411
      0.1633659080
     -0.1685780304
      0.0710568542
     -0.3334986072
     -0.0199883243
     -1.2651400014
     -0.2585261119
     -0.0324641886
     -0.1786874668
      0.2069015495
     -0.0753647465
     -0.1350879568
      0.1500537869
      0.0641684244
     -0.0726710471
      0.1979283528
      0.2650393573
      0.9594768108
     -0.2647715876
     -0.3874557613
      0.1411778637
     -0.4588178447
      0.2793994136
     -0.6026759385
      0.0907273251
      0.2806715570
      0.0542812456
     -0.3241506686
     -0.2595319678
     -0.1815482689
      0.2779267880
      0.3136210926
      0.3042001303
      0.0621314796
      0.2129682886
     -0.0592483466
     -0.0307337536
      0.2688175542
      0.0839247455
      0.1509584076
      0.2455505187
      0.3736478194
      0.0462680255
      0.1248413887
      0.2301116713
      0.2569067654
     -0.0755127892
     -0.6368029818
     -0.1715462474
     -0.0251781101
     -0.1719667952
     -0.0782311252
     -0.0432750851
     -0.0915295147
     -0.2494574097
      0.0949820668
     -0.2202590304
      0.1314310204
      0.0158987145
      0.2539258730
     -0.0682638624
     -0.0428310106
     -0.0016765942
     -0.1288952997
      0.1986761898
      0.1344519424
      0.0999433046
      0.0702222225
      0.1775982226
     -0.0427464237
      0.2200392414
     -0.3374954518
      0.0873361404
      0.2139715200
      0.2310985928
      0.0970373903
      0.2747282405
     -0.2127413391
      0.0911828134
     -0.1402720567
      0.1280406346
      0.0169277356
      0.2548010667
      0.1367519247
      0.0415303803
      0.2473227307
      0.2558978912
     -0.0347959319
     -0.0279948761
     -0.1062119028
     -0.2609311778
     -0.3521067113
      0.0070253151
     -0.2585419663
      0.2331790724
      0.1527732613
      0.2006673256
     -0.2177676808
     -0.1862025311
     -0.2772183934
      0.2207936753
      0.3840097757
      0.1843700330
     -0.2798238798
     -0.0470027437
     -0.1079807309
      0.0690111611
     -0.0903761976
      0.1797804383
      0.2356448830
     -0.0683186065
     -0.2529154774
     -0.1716354309
      0.0800569708
     -0.0685233693
      0.2817619800
      0.1807219402
      0.2016429320
     -0.0055880294
     -0.1756546581
      0.0288187659
     -0.1972930926
     -0.0622586842
     -0.3265331801
      0.2781875628
      0.4814952307
     -0.2858241601
     -0.4742745422
     -0.0405210218
      0.1124947739
     -0.1571197827
      0.0194772785
     -0.1755429389
      0.1503601690
     -0.0924855025
     -0.2257254641
     -0.1896490288
     -0.5110787837
     -0.2509131557
      0.5781015889
      0.3454955389
      0.3971416240
     -0.0928207669
     -0.1068332801
      0.0298465263
      0.3468177287
     -0.1088253172
     -0.2892027868
     -0.1259235031
     -0.9952024735
      0.0194070494
     -0.0455540354
     -0.0656981183
      0.1111525708
     -0.2879599757
     -0.1997911664
      0.2494119363
     -0.2409963934
      0.3564513607
      0.2901862118
      0.1157110766
      0.9038761529
     -0.1308593361
     -0.8895121633
      0.1438367877
     -0.2291253190
      0.3036103674
     -0.4875667586
      0.0041198613
     -0.1720858194
      0.1392251951
     -0.3012439368
      0.2856272918
      0.7152143041
     -0.0590726547
      0.0811771390
     -0.0167824945
      0.1124126494
      0.1514790939
      0.1390833777
      0.1473432050
     -0.3694124683
     -0.0761578427
     -0.2572523506
     -0.1531287496
     -0.5957305239
      0.2766397420
      0.5841207464
      0.2912697404
      0.0390389305
      0.1800675446
      0.2803446202
      0.1218219536
      0.2471012956
     -0.0471718671
      0.0664435898
      0.0542193106
      0.1186466725
     -0.9943470880
     -0.7532197961
      1.1356129416
     -0.5974852361
     -0.3275098845
     -1.3691326149
     -0.9117520227
      0.4227216017
      1.3041801566
     -0.4615881137
      0.3478473139
     -0.4909464306
     -1.0500585314
     -0.3011273223
      0.3174672002
      0.4024802855
      1.1568711866
     -1.2106499048
      1.1478767420
     -0.0106118090
     -0.5737764549
     -1.1838882098
      0.6077358435
      0.1575001068
     -0.2412379526
      0.2026847030
     -0.6126635999
      0.3976764674
      0.0024395412
     -0.1006287795
     -0.9350073413
     -0.3494086170
     -0.6956775749
      1.9012813292
      0.0674169124
     -0.3960402511
     -0.2260006439
     -1.5868751716
      0.2520273050
     -1.1222741944
      0.1463109591
      0.5036490628
     -0.4901618708
      0.3135856322
      1.6740928358
     -0.5015456264
      0.1363276497
     -0.2974937991
      0.4191459106
     -0.2659118001
     -0.1992466672
      0.4642602371
     -0.5200277194
     -0.2145358522
      0.4227473939
     -0.4536206756
     -0.0835159611
      0.3015310473
     -0.4690955436
     -0.4709735805
     -0.3653104751
     -0.1075950622
      0.0173186889
      0.0777939211
     -0.3525817059
      0.0493397788
     -0.6037788661
      0.6681572707
      0.1937841877
      0.5030235603
      0.0997159332
     -0.4533098647
      0.1274141685
      0.3778841594
      0.5572811067
     -0.7044766566
      0.1520740475
     -0.3518088002
      0.7068685748
     -0.5921387915
      0.5060119422
     -0.4140994923
      0.1781535471
     -0.3506872687
     -0.3372651403
      0.1910482975
      0.3549011880
      0.2004241503
      0.2027120132
     -0.0732810274
      0.5927076903
     -0.0131709535
     -0.1336413218
      0.0294276747
     -0.1209412409
     -0.1532185593
     -0.7347480487
     -0.3629762498
      0.0322319055
      0.2602945544
      0.3190434943
      0.5542339305
     -0.2452193117
      0.4369635781
      0.0191714117
      0.0146709424
      0.1664964046
     -0.1235218894
     -0.5586564811
     -1.1587886328
      0.1645677149
     -0.0175634255
      0.2057018473
      0.1413403159
     -0.5861684865
     -0.3816033558
      0.5712137921
     -0.6526540965
     -0.2494556590
     -0.5707488740
     -0.0410931295
      0.1498163479
      0.4372179198
      1.0126686879
      0.5637845702
     -0.2751261559
      0.1799243610
     -0.2498815674
      0.5876765932
     -0.0591904343
      0.1739854600
      0.1479765254
      0.3417271017
     -0.3596195237
     -0.3500627791
     -0.1092544100
     -0.4216204793
     -0.0948434903
      0.0337938939
     -0.0728152466
      0.1871217492
      0.3653766819
     -0.3309556689
     -0.0981777351
      0.3692006215
     -0.1526099928
      0.0454274045
     -0.0420986518
      0.3681002511
     -0.6085369152
     -0.0317717208
      0.2656063574
      0.0567418054
      0.4592334986
     -0.6091853461
     -0.2933496969
      0.1231812405
      0.4013447981
      0.0809349415
      0.4285099583
     -0.2500990158
     -0.0462629114
      0.2336134880
      0.0129930584
     -0.1282822427
     -0.3049675597
      0.2653256393
     -0.5716344708
     -0.1868478839
     -0.2590516261
     -0.3171729648
     -0.1465358871
      0.1552519343
      0.4859281119
     -0.0558144837
     -0.3998359784
      0.1136975772
     -0.1104922676
     -0.3838729682
      0.4202201921
      0.3820988584
      0.1053367317
      0.4575860440
     -0.2218657778
     -0.3066003118
      0.0350127737
      0.2009491687
      0.4401482614
     -0.4421803162
      0.4393783442
     -0.4500628900
      0.2544168258
      0.4603889024
     -0.5460178756
     -0.7912816351
     -0.6972435202
      0.7703457721
     -0.0998664731
      0.2983020446
     -0.1615911053
      0.4061719814
     -0.1140265065
     -0.6841012877
     -0.3981800663
     -0.0987785554
      0.0719577805
      0.5802577005
      0.1821768700
     -0.6871844495
      0.4400121710
     -0.5781389323
     -0.1689340614
      0.3229169909
      0.2153172501
      0.0282899725
     -0.3852143096
      0.0718691207
     -0.3588102806
     -0.2939853387
     -0.9808837398
      0.2486517216
      0.1051537443
     -0.0568974750
      0.5397006156
      0.7062531243
      0.3522539575
      0.7381364983
      0.7025763493
      0.8217230738
     -0.3196600470
     -0.5574460725
     -0.4053946392
      0.3149299927
      0.1650344901
     -0.3504886885
      0.1776373751
      0.3668631990
      0.1158791947
      0.3628581656
      0.3071458111
      0.4604301216
     -0.2311436704
      0.1103383814
      0.0175269765
      0.1224232345
      0.3009836397
     -0.0876896692
      0.3949216973
      0.1590245502
     -0.4849728174
      0.0668446494
     -0.0682685472
      0.3154785031
      0.0495912482
      0.2876877189
     -0.0226287797
      0.2030049190
     -0.0667574715
      0.4220545787
     -0.0382325699
     -0.3480024080
     -0.2904921131
      0.8065446402
     -0.1233389541
     -0.0049031968
      0.6632861830
     -0.2287275349
      0.4633555292
     -0.1745145636
      0.0460336311
     -0.2203618166
     -0.4775300220
      0.2754450322
     -0.7416100027
     -0.6155805359
     -0.1891053764
     -0.2862614046
     -0.0584424938
      0.2961807229
     -0.0229254901
     -0.1749958748
      0.3450669118
      0.2493361067
     -0.3827246291
     -0.1216061553
      0.4393765027
      0.5762598173
     -0.4762904026
      0.0148312266
      0.5802985077
     -0.0641363171
      0.2923878061
     -0.3187548031
     -0.0508912913
      0.4850246101
     -0.3377816832
     -0.4498082186
      0.3095206663
      0.6245237093
      0.0996393981
     -0.1155311766
     -0.4481643511
      0.2456588774
      0.2318137053
      0.1812886399
     -0.6081553187
     -0.1320032764
      0.1838663331
     -0.1809422397
      0.3131898800
     -0.6268455454
      0.0386600576
      0.5338460950
     -0.0312999984
     -0.0132221380
      0.1378421577
     -0.0806367000
      0.5801393181
      0.4916047838
      0.3362935169
      0.0787532143
     -0.8247318035
     -0.2244324612
     -0.3692107352
      0.0033704643
      1.2382594347
      0.9338655865
      0.6905086545
     -0.3962469508
     -0.4690200610
     -0.2646215441
     -0.4228090847
     -1.3085914179
      0.4146813622
      0.5369568210
      0.5399385185
      0.2664253211
     -0.0652556263
      0.3126292667
     -0.5275521503
     -0.2969207375
      0.0175433452
     -0.4603173008
     -0.4125127338
     -0.3752312939
      0.8978907177
      0.4776168470
     -0.0281705524
      0.5925691300
     -0.1580448699
      0.6858109710
     -0.3507234952
     -0.0243049420
     -0.3478578236
      0.3884640996
     -0.0550931773
     -0.1673296510
     -0.2217428545
     -0.2435071432
     -0.1661362206
      0.4382359251
     -0.1621758988
      0.6514468460
      0.5497488689
      0.0377498821
      0.6531546348
     -1.5651227187
      0.0982348385
     -0.0326664786
      0.6853635325
      0.2052717733
      0.1107011793
     -0.3761880480
     -0.8533622573
     -0.3682232889
      0.6143425558
     -0.2339495967
      0.8571418516
     -0.1374438512
      0.3061941024
      1.2437009847
     -0.5857100151
     -0.1984761950
      0.5613551823
     -0.0836008135
     -0.5267012317
     -0.0853772102
     -0.2893429724
      0.4887509338
     -0.2103998167
     -0.8751168800
      0.5675387100
      0.2194491612
      0.6473886696
     -0.1407728268
      0.0114082317
      0.3916276524
     -0.3604333796
      0.6740666370
     -0.1862677500
     -0.3392922316
      0.0744288369
      0.1093562409
     -0.0852907149
      0.5264524509
     -0.1846753603
     -0.3728295508
      0.3773181602
     -0.1973942414
     -0.3741151164
     -0.1765806136
      0.1278490741
     -0.6319148013
      0.2068716415
      0.0327602713
     -0.3060078644
      0.4822842301
      0.1253848285
     -0.3302725583
      0.4276910239
     -0.3189084510
     -0.6195399600
     -0.1586918003
     -0.2606662212
      0.1961530066
     -0.3918480502
      0.4982636849
     -0.3382431010
      0.5760431630
      0.4327438109
     -0.0735723504
     -0.0824573742
     -0.2940546234
      0.7511970867
      0.3075398229
     -0.2884354374
     -0.2888179241
      0.0801042338
      0.3975031980
      0.4821462235
     -0.1026256152
     -0.1241688393
     -0.2181564616
     -0.3896560414
     -0.2315881056
      0.5440553650
     -0.1138466849
     -0.3569340651
      0.3784999404
      0.4069598403
     -0.0735923959
      0.4658662103
     -0.4358626959
      0.1128778038
      0.1296608798
      0.4182934456
     -0.2799872963
     -0.3379460937
     -0.5911853886
      0.2062171554
      0.0817688848
     -0.0567572984
     -0.6858858430
     -0.0775410970
     -2.0019578506
      0.2312785957
      0.0082131953
      0.4789840436
     -0.0512333089
     -1.1455840964
      0.1791887322
     -0.9124993060
      0.4354657365
     -0.2234839287
     -0.9582967010
     -0.3090691622
      1.9259726228
      0.2541878782
     -1.0670809510
      0.4259021136
     -0.5672684626
     -0.5338686349
      0.2175009596
     -0.0543529142
      0.1002199349
      0.7843759172
      0.1568559434
     -0.1024840560
      0.4728028869
     -0.3360561037
     -0.0732861574
     -0.4755690488
     -0.2027561780
     -0.3182087174
     -0.5493412931
      0.4742069783
      0.4195888761
      0.0440899647
     -0.6142036067
      0.1437946324
     -0.3528515879
     -0.0701300380
      0.6353431874
     -0.4346261979
     -0.2954375065
     -0.9585690606
     -1.0256319537
      0.1659670584
      0.3695793360
     -0.0087643135
      0.3867908913
     -0.1458031499
      0.0038561499
      0.3892444430
      0.0862934352
      0.5282213047
      0.3727266092
     -0.5119978457
      0.3542044745
      0.4310473423
     -0.1161731233
     -0.1535859119
     -0.0245765595
     -0.0227183356
      0.6119463547
      0.0781916368
      0.0172526988
     -0.1513742253
     -0.3969339198
      0.5585963062
     -0.2243946911
     -0.8082929323
     -0.0487893167
      0.5069619891
      0.0612622639
      0.1389743863
      0.3967655751
      1.1638665073
     -0.1415312732
     -0.3054819193
     -0.6571724829
     -0.6927978201
      0.2239526979
     -0.5122262261
     -0.2225255908
      0.5357713887
      0.3159209059
     -0.4212053398
     -0.1407987252
      0.4155495121
      0.4871524674
     -0.0249677861
     -0.3569990889
      0.2927900085
      0.5748849218
     -0.3780244316
     -0.6232575842
     -0.0354645762
     -0.4545486771
      0.3253367039
      0.0579745787
     -0.2171911302
     -0.3739401862
      0.0922841785
      0.1055222502
     -0.4215098426
     -0.1980281543
     -0.3032887455
     -0.1391145162
     -0.3550164280
      0.5037160977
     -0.3912504382
      0.1438619338
      0.6913208785
      0.1551006178
     -0.3139749719
     -0.1946318532
      0.2671091767
     -0.0738274294
      0.3246782452
     -0.7135292945
     -0.6404129722
      0.6904972673
      0.2782051727
     -0.0667183014
      0.2429271152
     -0.5749328243
     -0.3649697317
     -0.3041060549
      0.4581621908
     -0.0726243554
     -0.0793650773
     -0.5093836656
     -0.2800046000
     -0.4012951391
     -0.5290018530
     -0.4480556108
     -0.0184155592
     -0.0798649321
      0.4328389626
     -0.9283391899
      0.4524661307
      0.8302959839
      1.4246327241
     -1.2281472643
      0.4959888897
      0.3786343688
      0.2176968691
      0.1150891684
      0.0708412343
     -0.6730676807
      1.3220147267
     -0.4954630379
      0.6212554816
      0.6778053748
     -0.1175103147
     -0.6215089885
     -0.5917763987
      1.1417844108
     -1.6300884493
     -0.1556349826
     -0.7919171689
     -1.5441830858
      0.0100971462
      0.2378763833
     -0.2042897076
     -0.2435452816
      0.1149684918
     -0.2599475035
      0.4803044825
     -0.0981440969
     -0.0304427583
     -0.3555068540
      0.2056333746
     -0.1358594458
     -0.1067958063
     -0.2375717463
     -0.2038129459
     -0.6365940230
      0.1063165411
      0.0563483634
     -0.1165016672
      0.1595342496
     -0.4541425843
      0.2924242648
      0.1703175342
     -0.0840077368
     -0.4205985100
