################################################################################
# Neural network connection values (weights and biases).
################################################################################
# Col  Name       Description
################################################################################
# 1    connection Neural network connection value.
# 2    t          Connection type (a = weight, b = bias).
# 3    index      Index enumerating weights.
# 4    l_s        Starting point layer (end point layer for biases).
# 5    n_s        Starting point neuron in starting layer (end point neuron for biases).
# 6    l_e        End point layer.
# 7    n_e        End point neuron in end layer.
################################################################################
#                      1 2         3     4     5     6     7
#             connection t     index   l_s   n_s   l_e   n_e
############################################################
  4.0343863861420043E-01 a         1     0     1     1     1
 -6.4323047940287417E+00 a         2     0     1     1     2
 -2.4767053142687159E+00 a         3     0     1     1     3
  1.1245590191744141E+00 a         4     0     1     1     4
 -1.2927022348459420E+00 a         5     0     1     1     5
  2.4467270590098971E+00 a         6     0     1     1     6
  1.9363390931947240E+00 a         7     0     1     1     7
 -4.4455410173749446E+00 a         8     0     1     1     8
  3.3690544740458028E+00 a         9     0     1     1     9
  1.9817883695001128E+00 a        10     0     1     1    10
 -3.7960008972472153E-01 a        11     0     1     1    11
 -3.0811423849872508E+00 a        12     0     1     1    12
 -2.4781095667573516E+00 a        13     0     1     1    13
  2.7203999939366236E-01 a        14     0     1     1    14
  2.6994367909415224E+00 a        15     0     1     1    15
  1.3516016420555323E+00 a        16     0     1     1    16
 -1.0883012129854901E+00 a        17     0     1     1    17
 -1.2323367137775845E+00 a        18     0     1     1    18
 -1.0595150453119304E+00 a        19     0     1     1    19
  1.0699456203332460E+00 a        20     0     1     1    20
  2.0333010399300049E+00 a        21     0     1     1    21
 -3.4598819602625155E+00 a        22     0     1     1    22
  3.6196346496912429E-01 a        23     0     1     1    23
  9.4965747048533156E-01 a        24     0     1     1    24
  7.5231348002129215E+00 a        25     0     2     1     1
 -1.5572121387671469E+00 a        26     0     2     1     2
 -3.6679077061721319E+00 a        27     0     2     1     3
  1.1692239801630222E+01 a        28     0     2     1     4
 -1.1718300970799043E+00 a        29     0     2     1     5
  5.0348849886746176E+00 a        30     0     2     1     6
 -2.9349598210882561E+00 a        31     0     2     1     7
 -9.1006086586389956E-01 a        32     0     2     1     8
  2.9367917888009285E+00 a        33     0     2     1     9
  5.0671339270154219E+00 a        34     0     2     1    10
  3.4353408258134173E+00 a        35     0     2     1    11
  3.6115936579864214E+00 a        36     0     2     1    12
  6.6197873824844020E+00 a        37     0     2     1    13
 -1.1755062094703321E+00 a        38     0     2     1    14
  3.5097934042881074E-01 a        39     0     2     1    15
  5.6446111103892627E-01 a        40     0     2     1    16
  6.0112133706094639E-01 a        41     0     2     1    17
 -2.7421998040572224E+00 a        42     0     2     1    18
 -4.8187316146572652E+00 a        43     0     2     1    19
 -3.8637649236607690E+00 a        44     0     2     1    20
 -8.2399603882105532E-01 a        45     0     2     1    21
 -5.5472925721524176E+00 a        46     0     2     1    22
  1.2744348007338684E+00 a        47     0     2     1    23
  1.0849198009863257E+00 a        48     0     2     1    24
 -4.2015544536576916E+00 a        49     0     3     1     1
 -3.6324814808299224E+00 a        50     0     3     1     2
 -1.1591189455698427E+00 a        51     0     3     1     3
 -3.3446168528873899E+00 a        52     0     3     1     4
 -3.2339842192647611E-01 a        53     0     3     1     5
  8.1211082555907010E-01 a        54     0     3     1     6
  4.5443674463614876E+00 a        55     0     3     1     7
  6.7653903833624289E+00 a        56     0     3     1     8
  2.0669807103885568E-01 a        57     0     3     1     9
  7.3301504216129987E-01 a        58     0     3     1    10
  1.6673931369931891E+00 a        59     0     3     1    11
  5.3328728757455819E+00 a        60     0     3     1    12
  2.9577504373451129E+00 a        61     0     3     1    13
  5.7886400360999346E+00 a        62     0     3     1    14
 -2.8115097077584790E+00 a        63     0     3     1    15
 -1.4290668327562184E+00 a        64     0     3     1    16
 -7.9251221096298896E-01 a        65     0     3     1    17
  6.2798889652078360E-01 a        66     0     3     1    18
 -1.3794598458879515E+00 a        67     0     3     1    19
  3.7449915748625111E+00 a        68     0     3     1    20
  1.1133582787135290E+00 a        69     0     3     1    21
 -3.9865633518066605E+00 a        70     0     3     1    22
 -2.6834675723048376E+00 a        71     0     3     1    23
  3.4371508207266439E+00 a        72     0     3     1    24
 -1.0239895953370668E+00 a        73     0     4     1     1
  7.5124050189475122E+00 a        74     0     4     1     2
  5.4699168348679272E-01 a        75     0     4     1     3
  5.7610557693449055E-02 a        76     0     4     1     4
  1.2248065676310913E+00 a        77     0     4     1     5
 -4.4988355168481382E+00 a        78     0     4     1     6
 -1.9469250895811396E+00 a        79     0     4     1     7
  2.2342382107207452E+00 a        80     0     4     1     8
 -4.3628621903520264E+00 a        81     0     4     1     9
 -1.2941094296503555E+00 a        82     0     4     1    10
  2.8002450827770913E+00 a        83     0     4     1    11
  7.1414723688247079E+00 a        84     0     4     1    12
  4.3640540440840443E+00 a        85     0     4     1    13
 -2.1763623928228282E+00 a        86     0     4     1    14
 -4.9175734285861381E+00 a        87     0     4     1    15
 -2.8663297156080132E+00 a        88     0     4     1    16
  2.6795415668004319E-01 a        89     0     4     1    17
  4.9931921859076506E-01 a        90     0     4     1    18
  1.4992028371609678E+00 a        91     0     4     1    19
 -3.6173512079593100E+00 a        92     0     4     1    20
 -2.7093149137036505E+00 a        93     0     4     1    21
  1.1758548800529516E+00 a        94     0     4     1    22
  2.5142247367442998E+00 a        95     0     4     1    23
 -1.5684532484049700E+00 a        96     0     4     1    24
 -7.9333006759573355E+00 a        97     0     5     1     1
  5.1534912738183247E-01 a        98     0     5     1     2
  7.2022085702289971E+00 a        99     0     5     1     3
 -1.1265068710823339E+01 a       100     0     5     1     4
  9.2187265417861097E-01 a       101     0     5     1     5
 -6.6948898499723279E+00 a       102     0     5     1     6
  2.0122195358690185E+00 a       103     0     5     1     7
  1.2432455836286440E+00 a       104     0     5     1     8
 -3.3243254664625508E+00 a       105     0     5     1     9
 -6.2518142298218109E+00 a       106     0     5     1    10
 -5.1708337582109047E+00 a       107     0     5     1    11
 -6.8930435785366218E+00 a       108     0     5     1    12
 -7.9138226907117879E+00 a       109     0     5     1    13
  2.6752514120464110E+00 a       110     0     5     1    14
 -9.3195156584173922E-01 a       111     0     5     1    15
 -5.9019739430138063E-01 a       112     0     5     1    16
 -3.3097849439685358E+00 a       113     0     5     1    17
  2.7199371069718810E+00 a       114     0     5     1    18
  5.3995923936660493E+00 a       115     0     5     1    19
  4.5506710125468661E+00 a       116     0     5     1    20
  7.4424536074743408E-01 a       117     0     5     1    21
  4.0346121164840767E+00 a       118     0     5     1    22
 -8.2264422568616635E-01 a       119     0     5     1    23
 -4.0534396122252296E+00 a       120     0     5     1    24
  9.9903300944983742E-01 a       121     0     6     1     1
 -1.9830914219402074E+00 a       122     0     6     1     2
  9.1157666255882974E-01 a       123     0     6     1     3
 -1.0049794887534762E-01 a       124     0     6     1     4
  1.8286468770706671E-01 a       125     0     6     1     5
  1.3908972698360655E+00 a       126     0     6     1     6
  3.4444072683724125E-02 a       127     0     6     1     7
 -4.0774450988109681E-02 a       128     0     6     1     8
  1.0045044480117840E+00 a       129     0     6     1     9
  9.5003860967659906E-02 a       130     0     6     1    10
 -2.1977089915759436E+00 a       131     0     6     1    11
 -3.3576603538959779E+00 a       132     0     6     1    12
 -1.9128957869881222E+00 a       133     0     6     1    13
  1.3875640698097487E+00 a       134     0     6     1    14
  1.5135241390267014E+00 a       135     0     6     1    15
  3.3697610292906599E-01 a       136     0     6     1    16
  6.2968832069076608E-01 a       137     0     6     1    17
 -6.6518965055162041E-02 a       138     0     6     1    18
 -1.1306332935225145E+00 a       139     0     6     1    19
  1.5585468019580213E+00 a       140     0     6     1    20
  1.0357808197834921E+00 a       141     0     6     1    21
  1.6833494999371915E-01 a       142     0     6     1    22
 -1.5289479674741691E+00 a       143     0     6     1    23
  6.1215782814758757E-01 a       144     0     6     1    24
  3.0293783597318193E+00 a       145     0     7     1     1
  4.4710695929625760E-01 a       146     0     7     1     2
 -2.8563584275490261E-01 a       147     0     7     1     3
  1.5911417623907984E+00 a       148     0     7     1     4
  1.2121301159911901E-01 a       149     0     7     1     5
  1.2794986874847725E+00 a       150     0     7     1     6
 -2.0197991389463597E+00 a       151     0     7     1     7
 -4.8225008619076393E+00 a       152     0     7     1     8
  2.9211589168189200E-01 a       153     0     7     1     9
 -9.1905476977810874E-01 a       154     0     7     1    10
 -1.3960167038620113E+00 a       155     0     7     1    11
 -2.4295297376857881E+00 a       156     0     7     1    12
 -6.0163460784494227E-01 a       157     0     7     1    13
 -2.3064441802737123E+00 a       158     0     7     1    14
  1.9918372394087203E+00 a       159     0     7     1    15
  8.7583349473214811E-01 a       160     0     7     1    16
 -1.2631738327788204E+00 a       161     0     7     1    17
 -1.0017582427851268E+00 a       162     0     7     1    18
 -3.1763551931628847E-01 a       163     0     7     1    19
 -7.4660802682851302E-01 a       164     0     7     1    20
 -9.8568200512896866E-03 a       165     0     7     1    21
 -5.1436957877434630E-01 a       166     0     7     1    22
  1.2584518011820274E+00 a       167     0     7     1    23
 -1.5147834333829839E+00 a       168     0     7     1    24
  6.3402088117972468E+00 a       169     0     8     1     1
  8.4257621813468198E-01 a       170     0     8     1     2
 -5.1152982139476464E+00 a       171     0     8     1     3
  5.1284514510646320E+00 a       172     0     8     1     4
 -9.4046302450558117E-01 a       173     0     8     1     5
  3.6496344998924122E+00 a       174     0     8     1     6
  9.6783203361426762E-02 a       175     0     8     1     7
 -1.5562054840923198E+00 a       176     0     8     1     8
 -1.2075068761292544E+00 a       177     0     8     1     9
  2.6789843800717823E+00 a       178     0     8     1    10
  3.5618860084178392E+00 a       179     0     8     1    11
  6.4900307219573570E+00 a       180     0     8     1    12
  2.4006257811576890E+00 a       181     0     8     1    13
 -1.8876331711226406E+00 a       182     0     8     1    14
  2.0515482817944526E+00 a       183     0     8     1    15
 -5.8824072065996988E+00 a       184     0     8     1    16
  4.3676945009058539E+00 a       185     0     8     1    17
 -3.2792986012664986E+00 a       186     0     8     1    18
 -3.1504087426145166E+00 a       187     0     8     1    19
 -3.3497193582960190E+00 a       188     0     8     1    20
 -6.5492596765783173E-01 a       189     0     8     1    21
 -2.8784733966837930E+00 a       190     0     8     1    22
  4.5187214321403237E+00 a       191     0     8     1    23
  4.2974791838216566E+00 a       192     0     8     1    24
 -8.8754287523017927E-01 a       193     0     9     1     1
  4.1156329810142456E+00 a       194     0     9     1     2
  2.4171061211652978E+00 a       195     0     9     1     3
 -2.4790369808872810E+00 a       196     0     9     1     4
 -2.0313471315370175E+00 a       197     0     9     1     5
 -5.3586138155845724E+00 a       198     0     9     1     6
 -6.6535975098116196E-01 a       199     0     9     1     7
  2.1919528607593119E+00 a       200     0     9     1     8
 -4.6191615727854156E+00 a       201     0     9     1     9
  7.8261291705723723E-01 a       202     0     9     1    10
 -6.1158337729217260E-01 a       203     0     9     1    11
 -1.1251969747042911E+00 a       204     0     9     1    12
 -3.5216773326818385E+00 a       205     0     9     1    13
  3.7261228475349122E+00 a       206     0     9     1    14
  2.6486557060629505E+00 a       207     0     9     1    15
  2.4234779266744693E+00 a       208     0     9     1    16
 -5.2346045326258599E+00 a       209     0     9     1    17
 -4.4451785354087372E+00 a       210     0     9     1    18
  8.3997257622820032E-01 a       211     0     9     1    19
  6.7844849255969351E+00 a       212     0     9     1    20
 -5.4732077958736616E+00 a       213     0     9     1    21
 -1.2431724918689897E+00 a       214     0     9     1    22
  2.2257744812808293E+00 a       215     0     9     1    23
  4.8429636769249198E+00 a       216     0     9     1    24
 -5.7635474925406305E+00 a       217     0    10     1     1
  4.6822982392914936E+00 a       218     0    10     1     2
  3.8007713448032536E+00 a       219     0    10     1     3
 -1.2415428404282542E+01 a       220     0    10     1     4
 -5.1190025402604702E+00 a       221     0    10     1     5
 -6.5704246451192159E+00 a       222     0    10     1     6
  3.2146788733892420E+00 a       223     0    10     1     7
 -1.1316209940037536E+00 a       224     0    10     1     8
 -1.5311149661091670E+00 a       225     0    10     1     9
  7.2249960366578394E+00 a       226     0    10     1    10
  7.2153142756068056E-01 a       227     0    10     1    11
 -1.7218313875169438E+00 a       228     0    10     1    12
 -8.3925384651340380E+00 a       229     0    10     1    13
  5.5130228442731821E-01 a       230     0    10     1    14
 -2.7084030337367321E-01 a       231     0    10     1    15
  2.6326049672005891E+00 a       232     0    10     1    16
 -2.2540151713043342E+00 a       233     0    10     1    17
 -3.9317503821988136E+00 a       234     0    10     1    18
 -2.0564261204389527E+00 a       235     0    10     1    19
  3.2407077144321548E+00 a       236     0    10     1    20
  3.3012943528563223E+00 a       237     0    10     1    21
  7.5196159181000573E+00 a       238     0    10     1    22
  8.9964816262903213E-01 a       239     0    10     1    23
  1.7525511971755316E+00 a       240     0    10     1    24
  4.9199507098913040E+00 a       241     0    11     1     1
  4.8391434650346206E+00 a       242     0    11     1     2
 -1.0193074930166215E+00 a       243     0    11     1     3
  1.1568958501786728E+01 a       244     0    11     1     4
 -4.9444881053794338E+00 a       245     0    11     1     5
  3.5537527672103191E+00 a       246     0    11     1     6
 -1.1088227526213847E+01 a       247     0    11     1     7
 -2.9385201936329270E+00 a       248     0    11     1     8
  9.5811242673761150E+00 a       249     0    11     1     9
  5.5779411677487962E+00 a       250     0    11     1    10
 -3.0431448962180321E+00 a       251     0    11     1    11
  1.4099359065513302E+00 a       252     0    11     1    12
 -9.4396072988576964E+00 a       253     0    11     1    13
 -1.6538745760010918E+00 a       254     0    11     1    14
 -2.5316363018947763E-01 a       255     0    11     1    15
 -4.3605631977576138E+00 a       256     0    11     1    16
 -4.2671590370116785E+00 a       257     0    11     1    17
  3.3360362588665646E+00 a       258     0    11     1    18
  2.8976729162922465E+00 a       259     0    11     1    19
  5.7046474754455065E+00 a       260     0    11     1    20
 -8.5195513167897037E+00 a       261     0    11     1    21
  1.2589486625186819E+01 a       262     0    11     1    22
  2.3755591501940529E-01 a       263     0    11     1    23
  2.2653263924820490E+00 a       264     0    11     1    24
  2.3415120204382916E+01 a       265     0    12     1     1
  5.1302148748467467E+00 a       266     0    12     1     2
 -9.9832582971658965E+00 a       267     0    12     1     3
 -2.8038222118574745E+00 a       268     0    12     1     4
 -8.9440723063395531E+00 a       269     0    12     1     5
 -9.0603356163339588E-01 a       270     0    12     1     6
  1.0460181299579556E+01 a       271     0    12     1     7
  3.1220176625791143E+00 a       272     0    12     1     8
 -2.8876334074602927E+00 a       273     0    12     1     9
 -1.2055516780447787E+01 a       274     0    12     1    10
 -2.1360657940054768E+00 a       275     0    12     1    11
 -1.6698485790251482E+01 a       276     0    12     1    12
  6.0221938356423943E-01 a       277     0    12     1    13
  3.3646303468885170E+00 a       278     0    12     1    14
  2.2313109452320208E+00 a       279     0    12     1    15
  6.5402387746381425E+00 a       280     0    12     1    16
  2.3072655450778234E+00 a       281     0    12     1    17
  3.7945852101068591E+00 a       282     0    12     1    18
  7.6992225647848667E+00 a       283     0    12     1    19
 -6.1630356132795301E+00 a       284     0    12     1    20
 -6.9908182958373484E+00 a       285     0    12     1    21
 -3.3451809634650300E+00 a       286     0    12     1    22
  9.9838837677668550E+00 a       287     0    12     1    23
  2.6864738116432947E+00 a       288     0    12     1    24
  7.8915175514419413E+00 a       289     0    13     1     1
 -1.1574419987106679E+00 a       290     0    13     1     2
 -1.6578430347610236E+00 a       291     0    13     1     3
  1.4685042694616746E+00 a       292     0    13     1     4
 -1.2842846868343086E+01 a       293     0    13     1     5
 -6.2555236890805688E-01 a       294     0    13     1     6
 -2.5641902541979169E+00 a       295     0    13     1     7
  1.4106819286093009E-01 a       296     0    13     1     8
 -1.2633540005662008E-01 a       297     0    13     1     9
  2.1274235168872502E+00 a       298     0    13     1    10
  5.3172767797941551E+00 a       299     0    13     1    11
  2.7528277216938712E+00 a       300     0    13     1    12
  5.7468661921786373E+00 a       301     0    13     1    13
  2.4666688793375369E+00 a       302     0    13     1    14
 -4.4938385669063905E+00 a       303     0    13     1    15
  4.1677304122852515E-01 a       304     0    13     1    16
  2.6510887666787322E+00 a       305     0    13     1    17
  2.4054850303628883E+00 a       306     0    13     1    18
 -1.5824413993825344E+00 a       307     0    13     1    19
  4.0510819702793137E+00 a       308     0    13     1    20
 -3.2259510670017151E+00 a       309     0    13     1    21
  5.5460475276542887E-01 a       310     0    13     1    22
 -4.0867521478377498E+00 a       311     0    13     1    23
 -1.2504898693648461E+00 a       312     0    13     1    24
  5.8987140654702730E-01 a       313     0    14     1     1
  1.0947088078732812E+00 a       314     0    14     1     2
  2.0123504490003175E+00 a       315     0    14     1     3
  8.2490255292196224E+00 a       316     0    14     1     4
 -2.6666261990852012E+00 a       317     0    14     1     5
  1.7244908512027686E+00 a       318     0    14     1     6
 -8.0707767535327459E+00 a       319     0    14     1     7
 -2.5601286773518983E+00 a       320     0    14     1     8
  7.3885946553425130E-01 a       321     0    14     1     9
  7.4364152785461295E+00 a       322     0    14     1    10
  4.1822482689646696E+00 a       323     0    14     1    11
  3.9363239303001940E+00 a       324     0    14     1    12
  7.4142638903091580E+00 a       325     0    14     1    13
 -1.2825621611692957E+00 a       326     0    14     1    14
 -3.0913247677669600E+00 a       327     0    14     1    15
 -1.9898614733538185E+00 a       328     0    14     1    16
  2.7052810464516717E-02 a       329     0    14     1    17
 -2.4870117489206915E+00 a       330     0    14     1    18
 -3.9707865593476255E+00 a       331     0    14     1    19
 -1.2472149630528522E+00 a       332     0    14     1    20
  4.6963469258484720E-02 a       333     0    14     1    21
 -6.6011912832825415E+00 a       334     0    14     1    22
  2.9416467724667381E+00 a       335     0    14     1    23
 -4.0204607820140015E-01 a       336     0    14     1    24
  1.7791461120977562E+01 a       337     0    15     1     1
 -4.2911132341839382E+00 a       338     0    15     1     2
 -3.0176666423379008E+00 a       339     0    15     1     3
  4.2399288538524047E+00 a       340     0    15     1     4
 -7.0846450314609317E+00 a       341     0    15     1     5
  1.3129161394041558E+01 a       342     0    15     1     6
  9.5517694052698570E+00 a       343     0    15     1     7
  1.9551009406067443E+00 a       344     0    15     1     8
 -1.8912967016919664E+00 a       345     0    15     1     9
 -1.6352261663636202E+01 a       346     0    15     1    10
  9.6059361738414744E+00 a       347     0    15     1    11
 -2.1751470969456260E+01 a       348     0    15     1    12
  8.5352401490856362E+00 a       349     0    15     1    13
  1.3070615127262396E+01 a       350     0    15     1    14
  3.7880974463964773E-01 a       351     0    15     1    15
 -2.4392828625310816E+00 a       352     0    15     1    16
  1.3663227742332721E+01 a       353     0    15     1    17
 -6.3236924207018124E+00 a       354     0    15     1    18
  1.3462141987654681E+01 a       355     0    15     1    19
 -2.6137025076702729E+00 a       356     0    15     1    20
 -1.1414503920350791E+01 a       357     0    15     1    21
  1.8036533772612886E+00 a       358     0    15     1    22
  8.7348338323615788E+00 a       359     0    15     1    23
  3.4174027671208846E+00 a       360     0    15     1    24
  8.2842331255019308E-01 a       361     0    16     1     1
 -1.4183346264197789E+00 a       362     0    16     1     2
  8.3824015496673801E-02 a       363     0    16     1     3
  7.4536866931927848E-01 a       364     0    16     1     4
 -1.3271196768174085E+00 a       365     0    16     1     5
  5.1142957819747692E-01 a       366     0    16     1     6
 -4.8226293147717508E-01 a       367     0    16     1     7
  2.4946265672984103E+00 a       368     0    16     1     8
 -2.3920209288366322E-02 a       369     0    16     1     9
  1.3163384712359555E-01 a       370     0    16     1    10
 -1.5986288198956586E+00 a       371     0    16     1    11
  8.1578464372686821E-01 a       372     0    16     1    12
  1.6204894619137988E-01 a       373     0    16     1    13
 -1.6125828836635048E+00 a       374     0    16     1    14
 -3.2971354909337136E-01 a       375     0    16     1    15
 -7.4681581882250075E-02 a       376     0    16     1    16
 -1.0426917168338570E+00 a       377     0    16     1    17
 -1.0850195539843119E+00 a       378     0    16     1    18
 -1.9702642813555531E+00 a       379     0    16     1    19
 -1.9464640060352307E+00 a       380     0    16     1    20
 -8.3950903688607664E-02 a       381     0    16     1    21
 -2.1453360720454389E+00 a       382     0    16     1    22
 -1.8810898323502876E+00 a       383     0    16     1    23
 -1.0015384560494618E+00 a       384     0    16     1    24
  1.7011922033094675E+00 a       385     0    17     1     1
 -1.8943065894346149E+00 a       386     0    17     1     2
  5.8219010912427764E+00 a       387     0    17     1     3
  4.9039219444529651E+00 a       388     0    17     1     4
 -6.5933288542737045E-01 a       389     0    17     1     5
  9.0028028172576835E-01 a       390     0    17     1     6
 -3.3076984168388144E+00 a       391     0    17     1     7
 -1.5215602001748583E+00 a       392     0    17     1     8
 -2.3750277408477255E-01 a       393     0    17     1     9
  4.7798309718012160E+00 a       394     0    17     1    10
 -3.0765351320861694E+00 a       395     0    17     1    11
  7.3835044765611380E-01 a       396     0    17     1    12
  2.1640318260939502E+00 a       397     0    17     1    13
 -2.7751613752805926E+00 a       398     0    17     1    14
 -2.3141072393033424E+00 a       399     0    17     1    15
 -2.6411579187708987E+00 a       400     0    17     1    16
 -3.5214238015898016E+00 a       401     0    17     1    17
 -1.7636031444779319E+00 a       402     0    17     1    18
 -2.2717288477706661E+00 a       403     0    17     1    19
 -4.0221353426345052E-01 a       404     0    17     1    20
  6.1467538635220609E-01 a       405     0    17     1    21
 -5.1310650260127719E+00 a       406     0    17     1    22
  1.8484711717806659E+00 a       407     0    17     1    23
 -8.7200444927609122E-01 a       408     0    17     1    24
  5.0631582106469848E+00 a       409     0    18     1     1
 -1.0864642865494420E+00 a       410     0    18     1     2
  1.0026440789491780E+00 a       411     0    18     1     3
  1.0597810312122400E+00 a       412     0    18     1     4
 -2.2802405193239630E+00 a       413     0    18     1     5
  3.6733917113294268E-01 a       414     0    18     1     6
  1.6528041770309287E+00 a       415     0    18     1     7
 -3.3964563655253260E-01 a       416     0    18     1     8
 -1.5538827939460662E-01 a       417     0    18     1     9
 -2.5135911473409261E-01 a       418     0    18     1    10
  1.7168499178265237E+00 a       419     0    18     1    11
  1.1630406599720380E+00 a       420     0    18     1    12
  3.4649378787171745E+00 a       421     0    18     1    13
  4.3724421047260495E+00 a       422     0    18     1    14
  8.5268609770551995E-01 a       423     0    18     1    15
 -2.0357417729775151E+00 a       424     0    18     1    16
 -1.0638323695600345E-01 a       425     0    18     1    17
  1.0927643564009082E+00 a       426     0    18     1    18
 -4.6073672127500287E-01 a       427     0    18     1    19
 -1.3534432825811344E+00 a       428     0    18     1    20
 -2.3169255762391061E+00 a       429     0    18     1    21
 -7.2605768305138807E-01 a       430     0    18     1    22
  8.4209748152020680E-01 a       431     0    18     1    23
  3.0441487010250667E-01 a       432     0    18     1    24
  3.8113429177456033E+00 a       433     0    19     1     1
 -4.4893819446637888E+00 a       434     0    19     1     2
  3.4215917163309517E+00 a       435     0    19     1     3
  5.4404203101435267E-01 a       436     0    19     1     4
 -4.6985009749312177E+00 a       437     0    19     1     5
  5.4123725367706630E+00 a       438     0    19     1     6
  5.9744719517575984E-01 a       439     0    19     1     7
  4.2172321839132634E+00 a       440     0    19     1     8
  7.0446364954574126E+00 a       441     0    19     1     9
 -9.2143913391646093E-01 a       442     0    19     1    10
  2.7522626129451351E+00 a       443     0    19     1    11
  1.4156148362417789E+00 a       444     0    19     1    12
  3.4127524078563294E+00 a       445     0    19     1    13
 -8.1948719856995988E-01 a       446     0    19     1    14
 -5.7075016008454682E+00 a       447     0    19     1    15
 -9.5517025482591631E+00 a       448     0    19     1    16
  9.2412761976536117E+00 a       449     0    19     1    17
  5.9537515264936918E+00 a       450     0    19     1    18
 -2.6790854228651422E+00 a       451     0    19     1    19
 -6.6911537569241197E-01 a       452     0    19     1    20
  1.2030210313549158E+01 a       453     0    19     1    21
  3.3662463240889831E+00 a       454     0    19     1    22
  7.4372702366039238E+00 a       455     0    19     1    23
 -4.2675385829501158E+00 a       456     0    19     1    24
  9.5100796892307748E+00 a       457     0    20     1     1
 -9.6312767245847173E+00 a       458     0    20     1     2
  3.2316449915889072E+00 a       459     0    20     1     3
  6.3005319899544272E+00 a       460     0    20     1     4
  8.8218995144352359E+00 a       461     0    20     1     5
 -7.7498915892840026E-02 a       462     0    20     1     6
  6.8757513210395969E+00 a       463     0    20     1     7
  7.4043224789575071E+00 a       464     0    20     1     8
 -3.1168001304783828E+00 a       465     0    20     1     9
 -2.4605620184058754E+01 a       466     0    20     1    10
 -7.8228112907940313E+00 a       467     0    20     1    11
 -4.6721706821173092E-01 a       468     0    20     1    12
 -4.3492098534241688E+00 a       469     0    20     1    13
  5.1538894019630463E+00 a       470     0    20     1    14
  3.3012954392965872E+00 a       471     0    20     1    15
 -1.2837660969223148E+01 a       472     0    20     1    16
 -2.1088086330092675E+00 a       473     0    20     1    17
  4.0411304251752904E+00 a       474     0    20     1    18
  1.1008700471149787E+01 a       475     0    20     1    19
  3.7345825011461682E+00 a       476     0    20     1    20
 -4.3201339159838250E+00 a       477     0    20     1    21
 -8.0615379564621943E+00 a       478     0    20     1    22
  1.9539441884039763E+00 a       479     0    20     1    23
 -1.2657091392569951E-02 a       480     0    20     1    24
  1.4752274422239889E+01 a       481     0    21     1     1
 -1.8964965998825032E+00 a       482     0    21     1     2
  7.0895616350887769E+00 a       483     0    21     1     3
 -6.4478829580663559E+00 a       484     0    21     1     4
  1.1232948235073934E+01 a       485     0    21     1     5
 -8.4299967605445243E+00 a       486     0    21     1     6
  2.0927472122657875E+01 a       487     0    21     1     7
 -8.4821553651807957E-01 a       488     0    21     1     8
 -2.5928408746128948E+01 a       489     0    21     1     9
 -1.6088747087609661E+01 a       490     0    21     1    10
  9.6249457325552186E+00 a       491     0    21     1    11
 -1.8200945136914161E+01 a       492     0    21     1    12
  1.2788788906049700E+01 a       493     0    21     1    13
 -4.8680303869155388E+00 a       494     0    21     1    14
  6.5437565304962826E+00 a       495     0    21     1    15
  1.6056442319088067E+01 a       496     0    21     1    16
  1.3819046329734002E+01 a       497     0    21     1    17
 -6.0126210959397914E+00 a       498     0    21     1    18
 -3.5406438788021433E+00 a       499     0    21     1    19
 -1.8643360440048840E+00 a       500     0    21     1    20
  1.6231404575963701E+01 a       501     0    21     1    21
 -2.0490536016280899E+01 a       502     0    21     1    22
  6.1786532100813405E+00 a       503     0    21     1    23
 -1.1094985449053407E+01 a       504     0    21     1    24
 -2.9669851481373861E+00 a       505     0    22     1     1
  3.7025582105197006E+00 a       506     0    22     1     2
 -2.1207060454028221E+00 a       507     0    22     1     3
  4.2786549681448965E-01 a       508     0    22     1     4
  8.2842561797288052E+00 a       509     0    22     1     5
 -2.4326482140424570E+00 a       510     0    22     1     6
 -7.2276217591347403E-01 a       511     0    22     1     7
 -5.5922688083584813E+00 a       512     0    22     1     8
 -1.0377958983628917E+00 a       513     0    22     1     9
 -6.5108470411362163E-01 a       514     0    22     1    10
 -1.6861214349045965E+00 a       515     0    22     1    11
 -2.9988431283103498E+00 a       516     0    22     1    12
 -4.3460763581862070E+00 a       517     0    22     1    13
  1.8831147902689885E-01 a       518     0    22     1    14
  5.2985946199427030E+00 a       519     0    22     1    15
  5.1605952757455062E+00 a       520     0    22     1    16
 -2.5293617478329140E+00 a       521     0    22     1    17
 -2.4814745745698823E+00 a       522     0    22     1    18
  1.2512504893345653E+00 a       523     0    22     1    19
  1.2661380952745904E+00 a       524     0    22     1    20
 -3.0768202327274352E+00 a       525     0    22     1    21
  4.0371178089320203E-01 a       526     0    22     1    22
 -6.5914085309114828E-02 a       527     0    22     1    23
  3.7199516732911806E+00 a       528     0    22     1    24
 -3.0464251038788412E+01 a       529     0    23     1     1
 -5.9989855880666965E-01 a       530     0    23     1     2
  3.1075971939148741E+00 a       531     0    23     1     3
 -3.8080776404942145E+00 a       532     0    23     1     4
  8.2827195233282609E+00 a       533     0    23     1     5
 -3.6877792957700701E+00 a       534     0    23     1     6
 -9.8300120234722943E+00 a       535     0    23     1     7
 -3.4009638412021919E+00 a       536     0    23     1     8
  4.9978611199158847E+00 a       537     0    23     1     9
  1.6004980871779459E+01 a       538     0    23     1    10
  6.4851572699032145E+00 a       539     0    23     1    11
  1.6402740783456185E+01 a       540     0    23     1    12
 -6.5607563919777645E+00 a       541     0    23     1    13
 -7.6824444913373613E+00 a       542     0    23     1    14
 -2.6070762979008655E-01 a       543     0    23     1    15
  1.8923702309043389E+00 a       544     0    23     1    16
  2.2717604265765989E+00 a       545     0    23     1    17
 -5.8390365075586894E+00 a       546     0    23     1    18
 -1.0699586094855677E+01 a       547     0    23     1    19
  8.5680561920155618E-01 a       548     0    23     1    20
  9.7532809840538128E+00 a       549     0    23     1    21
  1.2997834101690232E+01 a       550     0    23     1    22
 -1.3492263850658386E+01 a       551     0    23     1    23
 -1.5520267852698384E+00 a       552     0    23     1    24
 -1.4176641748240369E+01 a       553     0    24     1     1
  3.8222592845473837E+00 a       554     0    24     1     2
 -2.6784081838533385E+00 a       555     0    24     1     3
  5.9432267634141800E+00 a       556     0    24     1     4
  8.6523776146547737E-01 a       557     0    24     1     5
 -1.7736550785926164E+00 a       558     0    24     1     6
 -1.4229573965109150E+01 a       559     0    24     1     7
 -3.2887586678627958E+00 a       560     0    24     1     8
  1.2765627383552978E+01 a       561     0    24     1     9
  1.2198518909919832E+01 a       562     0    24     1    10
 -7.6083325444684720E+00 a       563     0    24     1    11
  1.2333894851013834E+01 a       564     0    24     1    12
 -1.2618486060025264E+01 a       565     0    24     1    13
 -7.9831788582820087E+00 a       566     0    24     1    14
 -2.5746397606580329E+00 a       567     0    24     1    15
 -2.1600697094787842E+00 a       568     0    24     1    16
 -1.0193817381868678E+01 a       569     0    24     1    17
  2.9755392862975962E+00 a       570     0    24     1    18
 -3.2051276614997137E+00 a       571     0    24     1    19
  1.0257822032438861E+00 a       572     0    24     1    20
 -3.6453020978028811E-01 a       573     0    24     1    21
  7.1291881363785414E+00 a       574     0    24     1    22
 -5.5073188538003839E+00 a       575     0    24     1    23
  2.6729283071497458E+00 a       576     0    24     1    24
 -4.8695400480159501E-01 a       577     0    25     1     1
  9.4378272163341181E-01 a       578     0    25     1     2
 -1.1615143980028260E+00 a       579     0    25     1     3
 -5.2457033588206459E-01 a       580     0    25     1     4
  1.2286737211570753E+00 a       581     0    25     1     5
  1.5286692535038942E+00 a       582     0    25     1     6
  5.6466479292780802E-01 a       583     0    25     1     7
 -5.0697117053020979E-01 a       584     0    25     1     8
 -2.8478568900698908E-01 a       585     0    25     1     9
 -5.8058746766951208E-01 a       586     0    25     1    10
 -1.2098944207683737E+00 a       587     0    25     1    11
  8.0874105328470491E-01 a       588     0    25     1    12
  1.4964337499851883E+00 a       589     0    25     1    13
  2.7076962101091434E-01 a       590     0    25     1    14
  1.2451902682120028E+00 a       591     0    25     1    15
  1.8409071371906014E+00 a       592     0    25     1    16
 -2.2411680049688414E+00 a       593     0    25     1    17
  8.7424559118481826E-01 a       594     0    25     1    18
  6.0607560549788310E-02 a       595     0    25     1    19
 -4.0354103654077083E+00 a       596     0    25     1    20
 -1.2267100042038366E+00 a       597     0    25     1    21
  4.4502355178363900E-02 a       598     0    25     1    22
 -2.1163878251968167E+00 a       599     0    25     1    23
 -2.0443406168168519E+00 a       600     0    25     1    24
 -1.0961383658350830E-01 a       601     0    26     1     1
  6.2231736027059081E-01 a       602     0    26     1     2
  4.3945592649034582E-01 a       603     0    26     1     3
  1.4203419455813132E-01 a       604     0    26     1     4
  3.3913326398011762E-01 a       605     0    26     1     5
  3.2816460400168719E+00 a       606     0    26     1     6
 -1.0634897002127384E+00 a       607     0    26     1     7
 -1.7690162668194804E+00 a       608     0    26     1     8
  6.7579141275696275E-01 a       609     0    26     1     9
  2.8202256585452772E+00 a       610     0    26     1    10
 -2.6895029162948130E+00 a       611     0    26     1    11
  3.5135935647457572E-01 a       612     0    26     1    12
  3.2121469558753768E+00 a       613     0    26     1    13
  7.7285239875140388E-01 a       614     0    26     1    14
 -5.8091619879398892E-01 a       615     0    26     1    15
  1.3203429223571295E+00 a       616     0    26     1    16
 -2.5566032142230664E+00 a       617     0    26     1    17
  4.5940628268098116E-01 a       618     0    26     1    18
 -1.9729076550314057E+00 a       619     0    26     1    19
 -5.3360414773989993E+00 a       620     0    26     1    20
 -1.7973210298796985E-01 a       621     0    26     1    21
 -6.7865800241645202E-01 a       622     0    26     1    22
 -2.0188973320877976E+00 a       623     0    26     1    23
 -3.2503016643842102E+00 a       624     0    26     1    24
  1.6573394898553881E+00 a       625     0    27     1     1
 -6.5804348077732736E-02 a       626     0    27     1     2
 -5.5185416139391097E-01 a       627     0    27     1     3
  7.8916555177861697E-02 a       628     0    27     1     4
 -1.4087746306818705E+00 a       629     0    27     1     5
  3.9863948689413822E+00 a       630     0    27     1     6
  2.6168367935854425E-01 a       631     0    27     1     7
 -2.5855855766758626E+00 a       632     0    27     1     8
  2.4353332921215922E+00 a       633     0    27     1     9
  3.4711299910711904E+00 a       634     0    27     1    10
  4.9852208090200212E-01 a       635     0    27     1    11
  3.5026825687027299E+00 a       636     0    27     1    12
  2.8829251156515547E+00 a       637     0    27     1    13
  3.9300045644423056E+00 a       638     0    27     1    14
  1.3243230077577794E+00 a       639     0    27     1    15
 -1.1178596667870195E+00 a       640     0    27     1    16
 -2.7987312355516600E+00 a       641     0    27     1    17
  3.1528339105246754E+00 a       642     0    27     1    18
  2.5887786815326352E-01 a       643     0    27     1    19
  1.3843675572956049E-01 a       644     0    27     1    20
 -1.8773901715400960E+00 a       645     0    27     1    21
  1.0709501336382776E+00 a       646     0    27     1    22
 -4.0155133074178778E-01 a       647     0    27     1    23
  5.8870710853754582E-01 a       648     0    27     1    24
 -2.4644329727407058E-01 a       649     0    28     1     1
  7.1428696852084761E-01 a       650     0    28     1     2
  1.0973811679725249E+00 a       651     0    28     1     3
 -8.7312675826828290E-01 a       652     0    28     1     4
 -1.2932957534255320E+00 a       653     0    28     1     5
 -1.8961599258398449E+00 a       654     0    28     1     6
  7.0246884002086518E-01 a       655     0    28     1     7
 -1.7108550441390675E+00 a       656     0    28     1     8
 -1.6837546095177052E+00 a       657     0    28     1     9
  1.3208951239099826E+00 a       658     0    28     1    10
  2.6147760150214516E+00 a       659     0    28     1    11
 -2.7775902957253168E-01 a       660     0    28     1    12
  4.6917967125833893E-01 a       661     0    28     1    13
  1.4688448014088629E+00 a       662     0    28     1    14
 -1.3901892685417205E+00 a       663     0    28     1    15
 -7.8993840641890500E-01 a       664     0    28     1    16
  7.9222674385355263E-01 a       665     0    28     1    17
  6.6289117714874723E-01 a       666     0    28     1    18
  3.3821881173749073E+00 a       667     0    28     1    19
  4.8130998705904764E+00 a       668     0    28     1    20
 -1.7100015003977653E+00 a       669     0    28     1    21
  1.3340820422591411E+00 a       670     0    28     1    22
  1.0525509538965274E+00 a       671     0    28     1    23
  1.0716697619919640E+00 a       672     0    28     1    24
  1.9887011847990734E+00 a       673     0    29     1     1
  3.4698003902132890E+00 a       674     0    29     1     2
 -3.2949861055615011E+00 a       675     0    29     1     3
 -4.1153537204163051E+00 a       676     0    29     1     4
 -3.7392881677125955E+00 a       677     0    29     1     5
 -2.8155935722708323E+00 a       678     0    29     1     6
  1.2086777894041989E+00 a       679     0    29     1     7
  1.4512754952386491E+00 a       680     0    29     1     8
 -1.8093607428091383E+00 a       681     0    29     1     9
 -2.1804685660882819E+00 a       682     0    29     1    10
  4.9780088907764357E+00 a       683     0    29     1    11
 -3.1164135202507794E+00 a       684     0    29     1    12
 -1.2995203089982645E+00 a       685     0    29     1    13
  4.1374929316006304E+00 a       686     0    29     1    14
  1.3734261406686061E+00 a       687     0    29     1    15
  1.2138827773796550E+00 a       688     0    29     1    16
  4.1822766017635402E+00 a       689     0    29     1    17
  6.7499557687928913E-01 a       690     0    29     1    18
  2.4336708763824944E+00 a       691     0    29     1    19
  4.5200683598866620E+00 a       692     0    29     1    20
 -1.6112819493831367E+00 a       693     0    29     1    21
  2.3564565025799946E+00 a       694     0    29     1    22
  2.0585286508920069E+00 a       695     0    29     1    23
  2.0332649712282302E+00 a       696     0    29     1    24
 -4.2470448809921741E+00 a       697     0    30     1     1
  9.4666788235579991E-01 a       698     0    30     1     2
 -1.8602965436640568E+00 a       699     0    30     1     3
 -2.5580934386711722E+00 a       700     0    30     1     4
 -2.1318367902189789E-02 a       701     0    30     1     5
 -4.5858227895256531E-01 a       702     0    30     1     6
 -1.9093132319535584E+00 a       703     0    30     1     7
  3.3301018773386422E+00 a       704     0    30     1     8
 -4.6824570668522186E-01 a       705     0    30     1     9
 -3.4256760809070514E+00 a       706     0    30     1    10
 -1.9785629796682340E+00 a       707     0    30     1    11
 -2.7048793362024077E+00 a       708     0    30     1    12
 -3.1046000511430418E+00 a       709     0    30     1    13
 -2.0035072355232066E+00 a       710     0    30     1    14
 -2.5530306184880169E+00 a       711     0    30     1    15
 -1.5422001128491480E+00 a       712     0    30     1    16
  2.4010433405508507E+00 a       713     0    30     1    17
 -2.3616933229196992E+00 a       714     0    30     1    18
  1.7279938098343663E+00 a       715     0    30     1    19
  5.0152599676017973E-01 a       716     0    30     1    20
 -1.3679618005272136E+00 a       717     0    30     1    21
  3.4764230000189675E+00 a       718     0    30     1    22
 -6.9959198006690049E-01 a       719     0    30     1    23
  3.1709897195918496E-01 a       720     0    30     1    24
 -8.1112603736601816E+00 a       721     0    31     1     1
  2.3538111702335993E-01 a       722     0    31     1     2
  6.3720566925342903E-01 a       723     0    31     1     3
 -4.6986505618991797E-01 a       724     0    31     1     4
  1.0529121100430118E+01 a       725     0    31     1     5
  9.9560094146901243E-02 a       726     0    31     1     6
  3.4018221599166814E+00 a       727     0    31     1     7
  5.6925663412999505E-01 a       728     0    31     1     8
 -1.5698753271650354E+00 a       729     0    31     1     9
 -1.2537081992538794E+00 a       730     0    31     1    10
 -4.1037838236190307E+00 a       731     0    31     1    11
 -1.3717587979952092E-02 a       732     0    31     1    12
 -3.9850523244691609E+00 a       733     0    31     1    13
 -5.3865675970227569E+00 a       734     0    31     1    14
  1.4196836992247668E+00 a       735     0    31     1    15
 -1.2504293804938931E+00 a       736     0    31     1    16
 -3.6178491616623645E+00 a       737     0    31     1    17
 -2.2897760675059140E+00 a       738     0    31     1    18
  2.0535985336445770E+00 a       739     0    31     1    19
 -5.1456989257862498E+00 a       740     0    31     1    20
  2.1751190696085589E+00 a       741     0    31     1    21
 -3.5990984615461472E+00 a       742     0    31     1    22
  3.0427819566583607E+00 a       743     0    31     1    23
  6.5480119105064594E-01 a       744     0    31     1    24
 -1.9837926218583871E+01 a       745     0    32     1     1
  6.6001158263174364E-01 a       746     0    32     1     2
  1.6077305331363871E+00 a       747     0    32     1     3
 -1.0674044818401612E+01 a       748     0    32     1     4
  3.1212408068170303E+00 a       749     0    32     1     5
 -1.0194479359960930E+01 a       750     0    32     1     6
 -6.3241795518929225E+00 a       751     0    32     1     7
  3.9996639019481051E+00 a       752     0    32     1     8
  2.0397453138653940E+00 a       753     0    32     1     9
  1.3811920280105229E+01 a       754     0    32     1    10
 -8.7700348082423609E+00 a       755     0    32     1    11
  2.2323813328563816E+01 a       756     0    32     1    12
 -3.3858892066744222E+00 a       757     0    32     1    13
 -4.6852635259692734E+00 a       758     0    32     1    14
 -1.6740417201350892E+00 a       759     0    32     1    15
 -2.3288710872404335E+00 a       760     0    32     1    16
 -1.1897378334397146E+01 a       761     0    32     1    17
  6.1618962365827192E+00 a       762     0    32     1    18
 -1.0815130167814957E+01 a       763     0    32     1    19
  4.6557178194173182E-01 a       764     0    32     1    20
  8.4356291659190266E+00 a       765     0    32     1    21
 -2.0607532199039498E+00 a       766     0    32     1    22
 -8.6845470224889638E+00 a       767     0    32     1    23
 -4.2171410872389292E-01 a       768     0    32     1    24
  1.2115335603406785E+00 a       769     0    33     1     1
 -1.7232782728524296E+00 a       770     0    33     1     2
  2.9278765447088757E+00 a       771     0    33     1     3
  1.2949493342523348E+00 a       772     0    33     1     4
  4.5736837609886196E+00 a       773     0    33     1     5
  1.7349070302671792E+00 a       774     0    33     1     6
 -5.7590953846546022E-01 a       775     0    33     1     7
  4.2763762011499535E+00 a       776     0    33     1     8
  2.0283917336726685E+00 a       777     0    33     1     9
 -1.5883757875514388E+00 a       778     0    33     1    10
 -1.5271592135618695E+00 a       779     0    33     1    11
 -2.6281364526345907E+00 a       780     0    33     1    12
 -1.8577648363924006E+00 a       781     0    33     1    13
  6.0853137661441548E-01 a       782     0    33     1    14
  2.0800343697479304E+00 a       783     0    33     1    15
  5.2928074553890951E+00 a       784     0    33     1    16
 -1.2407770996374325E+00 a       785     0    33     1    17
  6.0363844793675216E+00 a       786     0    33     1    18
 -1.7842736888066075E+00 a       787     0    33     1    19
 -1.6138887100664596E+00 a       788     0    33     1    20
  2.7099712894231409E+00 a       789     0    33     1    21
 -7.6532571646517689E-01 a       790     0    33     1    22
 -3.7556828256846475E+00 a       791     0    33     1    23
 -1.3236215797074851E+00 a       792     0    33     1    24
  4.6638986170778163E-02 a       793     0    34     1     1
 -6.3035740475553700E-02 a       794     0    34     1     2
  3.8233987881204767E-01 a       795     0    34     1     3
 -1.6792487068517731E-01 a       796     0    34     1     4
  4.8567204400070819E-02 a       797     0    34     1     5
  1.0051533729531079E-01 a       798     0    34     1     6
  3.0688189974610958E-01 a       799     0    34     1     7
 -5.6008939297629123E-01 a       800     0    34     1     8
 -1.1843090591977408E-01 a       801     0    34     1     9
 -5.5117580363827814E-02 a       802     0    34     1    10
 -1.2667445300681052E-01 a       803     0    34     1    11
 -2.1927199110130385E-01 a       804     0    34     1    12
  4.3067352981898255E-01 a       805     0    34     1    13
  5.6154106231824284E-02 a       806     0    34     1    14
  1.4997092991560074E-01 a       807     0    34     1    15
 -1.2620277347675687E-01 a       808     0    34     1    16
 -3.1735582877811674E-01 a       809     0    34     1    17
  5.1015133842603711E-03 a       810     0    34     1    18
 -1.5716832921082746E-01 a       811     0    34     1    19
 -1.0031851037405416E-01 a       812     0    34     1    20
 -5.6822991325967176E-01 a       813     0    34     1    21
  8.7488708048930020E-01 a       814     0    34     1    22
 -5.8982234342154571E-01 a       815     0    34     1    23
 -8.6949718543369425E-01 a       816     0    34     1    24
 -2.6891030463543342E-01 a       817     0    35     1     1
 -6.6422667690199999E-01 a       818     0    35     1     2
 -2.0302537853324479E-01 a       819     0    35     1     3
 -1.1154175195897058E+00 a       820     0    35     1     4
 -1.5863198674457717E+00 a       821     0    35     1     5
  2.0790601996690508E-01 a       822     0    35     1     6
  8.5750963552779946E-01 a       823     0    35     1     7
 -7.1106010422014831E-01 a       824     0    35     1     8
  6.1244475369045197E-02 a       825     0    35     1     9
  4.5606182538284723E-01 a       826     0    35     1    10
 -5.7023240518100449E-01 a       827     0    35     1    11
  4.6046321827630821E-01 a       828     0    35     1    12
  5.8615523427838234E-01 a       829     0    35     1    13
 -4.8589443942891991E-01 a       830     0    35     1    14
 -5.3580160855121428E-01 a       831     0    35     1    15
 -9.2533172388372709E-01 a       832     0    35     1    16
 -3.8746449689569967E-01 a       833     0    35     1    17
 -1.9411653469210810E+00 a       834     0    35     1    18
 -1.8014260887565547E-01 a       835     0    35     1    19
  1.7949682423653426E+00 a       836     0    35     1    20
 -4.5430334640246500E-01 a       837     0    35     1    21
  3.9311324248818119E-01 a       838     0    35     1    22
  3.0144240966782609E-01 a       839     0    35     1    23
  1.3958623219239308E+00 a       840     0    35     1    24
  3.0856057081588883E-01 a       841     0    36     1     1
 -9.5802165574991516E-01 a       842     0    36     1     2
 -4.9664716439577389E-01 a       843     0    36     1     3
 -6.6818319599465803E-01 a       844     0    36     1     4
  9.3704072230495150E-01 a       845     0    36     1     5
  8.9932765818441329E-01 a       846     0    36     1     6
  7.8256602885838622E-01 a       847     0    36     1     7
  5.9951811420281698E-01 a       848     0    36     1     8
  7.4110273464131948E-01 a       849     0    36     1     9
 -2.5890086055785699E-01 a       850     0    36     1    10
 -1.5316930877254900E+00 a       851     0    36     1    11
 -1.9529821462720387E-01 a       852     0    36     1    12
 -3.3020698065899690E-01 a       853     0    36     1    13
  1.8889683225511675E-01 a       854     0    36     1    14
  8.5735408192311080E-01 a       855     0    36     1    15
  2.6765142872204889E-01 a       856     0    36     1    16
 -1.4368340750641515E-01 a       857     0    36     1    17
 -3.6031350780224009E-01 a       858     0    36     1    18
 -1.1092400261865434E+00 a       859     0    36     1    19
 -6.8216477804835074E-01 a       860     0    36     1    20
 -1.4268446640389790E-01 a       861     0    36     1    21
  8.7890306741474178E-01 a       862     0    36     1    22
 -1.2253230706633051E+00 a       863     0    36     1    23
 -5.3547294437845561E-02 a       864     0    36     1    24
  9.9310258469254442E-01 a       865     0    37     1     1
 -6.6040882550125579E-01 a       866     0    37     1     2
 -2.3378180720400552E-01 a       867     0    37     1     3
  3.2833834028666808E-01 a       868     0    37     1     4
  3.3668697119475099E-01 a       869     0    37     1     5
  4.5257613876047920E+00 a       870     0    37     1     6
  1.6134225437401042E+00 a       871     0    37     1     7
  1.4137738112824567E+00 a       872     0    37     1     8
 -2.4841695189074733E-01 a       873     0    37     1     9
  1.3445741891824774E+00 a       874     0    37     1    10
  7.5216641637972714E-01 a       875     0    37     1    11
  1.8581912321096334E+00 a       876     0    37     1    12
 -4.6512737891651462E-01 a       877     0    37     1    13
 -1.1635394372997474E+00 a       878     0    37     1    14
  1.7773962302073987E+00 a       879     0    37     1    15
  1.2451524847733682E+00 a       880     0    37     1    16
  1.5457375813334693E+00 a       881     0    37     1    17
  3.3104130448434410E+00 a       882     0    37     1    18
 -2.2036008631216086E+00 a       883     0    37     1    19
  7.1024538958073791E-01 a       884     0    37     1    20
 -4.0571706435610932E-01 a       885     0    37     1    21
 -1.1614929990402123E-01 a       886     0    37     1    22
  1.7034186877655788E+00 a       887     0    37     1    23
  1.6359736722641940E+00 a       888     0    37     1    24
 -1.9728528971880106E+00 a       889     0    38     1     1
 -1.4265584891453920E-01 a       890     0    38     1     2
  2.4201435333231420E+00 a       891     0    38     1     3
 -5.8489435299964865E-01 a       892     0    38     1     4
  9.4844338043069509E-01 a       893     0    38     1     5
  1.0811112682154362E+00 a       894     0    38     1     6
 -3.9511278689749600E+00 a       895     0    38     1     7
  9.9022893464665462E-01 a       896     0    38     1     8
 -2.6800424817361526E+00 a       897     0    38     1     9
 -7.9614623416026109E-01 a       898     0    38     1    10
 -4.3708944333647253E+00 a       899     0    38     1    11
 -2.6864642275866140E+00 a       900     0    38     1    12
  1.6014668121268341E+00 a       901     0    38     1    13
  6.0867566569847942E-01 a       902     0    38     1    14
 -6.4453184731297641E-01 a       903     0    38     1    15
  7.0539322617192524E-01 a       904     0    38     1    16
 -1.9696961579586217E-01 a       905     0    38     1    17
  4.7230354906231913E+00 a       906     0    38     1    18
 -7.1112346272723459E-01 a       907     0    38     1    19
  4.9787581224892234E-03 a       908     0    38     1    20
 -2.5997154944085299E+00 a       909     0    38     1    21
  1.7648598717026338E+00 a       910     0    38     1    22
 -3.0386623928130163E-01 a       911     0    38     1    23
 -2.6632170871588960E+00 a       912     0    38     1    24
 -4.1530852433139087E-01 a       913     0    39     1     1
  3.5288417300795472E-01 a       914     0    39     1     2
 -1.2547074728524408E+00 a       915     0    39     1     3
 -3.0079843237879028E-01 a       916     0    39     1     4
  2.8887904441491447E-01 a       917     0    39     1     5
 -7.5921804967401518E-01 a       918     0    39     1     6
 -6.8097128709419075E-01 a       919     0    39     1     7
  1.3731690820081843E+00 a       920     0    39     1     8
  2.4032600133351287E-01 a       921     0    39     1     9
 -1.4981909695316251E-01 a       922     0    39     1    10
  2.3295468698312397E-02 a       923     0    39     1    11
 -5.8626338073480688E-01 a       924     0    39     1    12
  7.8261980581889656E-01 a       925     0    39     1    13
 -7.8019816664676345E-01 a       926     0    39     1    14
 -1.0681219083542415E+00 a       927     0    39     1    15
  1.0694498664177181E+00 a       928     0    39     1    16
  6.5124674291091511E-01 a       929     0    39     1    17
 -1.2468488732621090E-01 a       930     0    39     1    18
 -1.2674789290940708E-01 a       931     0    39     1    19
  5.9497598364756543E-01 a       932     0    39     1    20
 -4.7093418416738941E-01 a       933     0    39     1    21
  8.0866363365052241E-01 a       934     0    39     1    22
 -1.9791694931261683E-01 a       935     0    39     1    23
 -3.1446419502921602E-01 a       936     0    39     1    24
 -2.9443653683638449E-01 a       937     0    40     1     1
  1.3211029490607005E+00 a       938     0    40     1     2
  1.5278967510291059E+00 a       939     0    40     1     3
  2.0055600192321901E+00 a       940     0    40     1     4
  5.2537101617456561E-02 a       941     0    40     1     5
 -2.1844863207318075E+00 a       942     0    40     1     6
 -3.4539878008957463E+00 a       943     0    40     1     7
 -1.5426835459325865E+00 a       944     0    40     1     8
  1.4300933485091039E+00 a       945     0    40     1     9
  5.3156675109636342E-01 a       946     0    40     1    10
  1.5109439430459183E-02 a       947     0    40     1    11
 -3.7162207930098390E+00 a       948     0    40     1    12
  7.0077182503914337E-01 a       949     0    40     1    13
  3.0593782288909149E-01 a       950     0    40     1    14
  1.3433864085245428E+00 a       951     0    40     1    15
  2.0566760728577620E+00 a       952     0    40     1    16
  1.1148657415390557E+00 a       953     0    40     1    17
 -2.2835931518569730E+00 a       954     0    40     1    18
  4.6176499965643200E-02 a       955     0    40     1    19
 -2.0405636396034161E+00 a       956     0    40     1    20
 -1.0090467819545859E+00 a       957     0    40     1    21
  2.7301716194810126E+00 a       958     0    40     1    22
 -9.3570788009883810E-01 a       959     0    40     1    23
 -1.6550583975697459E+00 a       960     0    40     1    24
 -9.5485226487707642E-01 a       961     0    41     1     1
  3.5692021711137958E+00 a       962     0    41     1     2
  6.5623681363164676E-01 a       963     0    41     1     3
 -1.5973993042747019E+00 a       964     0    41     1     4
 -1.8304885366667472E+00 a       965     0    41     1     5
 -1.5504125999453851E+00 a       966     0    41     1     6
 -1.0004824383940876E+00 a       967     0    41     1     7
 -3.8607863466323393E+00 a       968     0    41     1     8
 -1.2239107765848272E+00 a       969     0    41     1     9
  1.2465127189681549E+00 a       970     0    41     1    10
  1.1212088473727746E+00 a       971     0    41     1    11
  8.7357048890646727E-01 a       972     0    41     1    12
 -2.9221087893412484E-01 a       973     0    41     1    13
 -3.0353069623795476E-01 a       974     0    41     1    14
 -2.3462309490597786E+00 a       975     0    41     1    15
  1.0290766736733126E+00 a       976     0    41     1    16
 -1.0760422474269256E+00 a       977     0    41     1    17
 -5.1347687217758564E-01 a       978     0    41     1    18
  2.6222187443361751E+00 a       979     0    41     1    19
  2.7411971284040765E-01 a       980     0    41     1    20
 -2.8328595808161823E+00 a       981     0    41     1    21
 -4.7370099501566426E-01 a       982     0    41     1    22
  2.0503644471724409E+00 a       983     0    41     1    23
  1.2546245943493442E-01 a       984     0    41     1    24
 -3.3180855982582841E-01 a       985     0    42     1     1
  2.0861192716150208E+00 a       986     0    42     1     2
  1.0183940773185212E+00 a       987     0    42     1     3
 -6.3966319605735553E-02 a       988     0    42     1     4
 -2.2272758690278676E+00 a       989     0    42     1     5
 -2.6062486234698872E+00 a       990     0    42     1     6
 -1.8624233260725496E+00 a       991     0    42     1     7
 -4.6067802240352884E-01 a       992     0    42     1     8
 -1.4058275770149620E+00 a       993     0    42     1     9
  1.5970768940622651E+00 a       994     0    42     1    10
 -6.2172689212492793E-01 a       995     0    42     1    11
  3.3118564862057409E-01 a       996     0    42     1    12
 -1.3935707382764220E+00 a       997     0    42     1    13
 -7.6882431681189867E-01 a       998     0    42     1    14
 -1.1575055035458719E+00 a       999     0    42     1    15
 -3.1138521702883609E-01 a      1000     0    42     1    16
  3.6542457605653828E-01 a      1001     0    42     1    17
 -2.4041020803667705E+00 a      1002     0    42     1    18
  5.2931254965267627E-01 a      1003     0    42     1    19
 -1.0624828813791418E+00 a      1004     0    42     1    20
 -1.6938206383377292E+00 a      1005     0    42     1    21
 -3.6240373106329571E-01 a      1006     0    42     1    22
  1.0697765694174304E+00 a      1007     0    42     1    23
  5.7740579161504713E-01 a      1008     0    42     1    24
 -3.5200801350869728E+00 a      1009     0    43     1     1
  8.0797442208098165E+00 a      1010     0    43     1     2
 -7.6070311277524028E-01 a      1011     0    43     1     3
 -2.7430960498849926E+00 a      1012     0    43     1     4
 -7.1605294187200288E+00 a      1013     0    43     1     5
  6.1542557837294273E-02 a      1014     0    43     1     6
 -5.1767182045731914E+00 a      1015     0    43     1     7
 -8.4683808647451766E+00 a      1016     0    43     1     8
 -2.9343764972361615E+00 a      1017     0    43     1     9
  1.8600474807785483E+00 a      1018     0    43     1    10
 -7.8561549073627583E+00 a      1019     0    43     1    11
 -8.1187006863483671E+00 a      1020     0    43     1    12
 -7.1792509021130844E+00 a      1021     0    43     1    13
 -1.2110671133962118E+01 a      1022     0    43     1    14
  8.8374614560936102E+00 a      1023     0    43     1    15
  8.9322914391012880E+00 a      1024     0    43     1    16
 -8.1812844190880867E+00 a      1025     0    43     1    17
 -2.2576171609497884E+00 a      1026     0    43     1    18
  4.1040786558650382E+00 a      1027     0    43     1    19
 -5.1262749120584834E+00 a      1028     0    43     1    20
  2.4173431418456928E+00 a      1029     0    43     1    21
  9.1243634622358130E+00 a      1030     0    43     1    22
  7.4435089234913878E+00 a      1031     0    43     1    23
 -8.5882260354977802E-01 a      1032     0    43     1    24
  5.0390759890147860E+00 a      1033     0    44     1     1
  2.0543335458983512E+00 a      1034     0    44     1     2
 -4.8138373351848252E+00 a      1035     0    44     1     3
  5.0809919953943805E-01 a      1036     0    44     1     4
  5.0143479044716432E+00 a      1037     0    44     1     5
  1.3797942320571754E+00 a      1038     0    44     1     6
  6.5050663924069667E+00 a      1039     0    44     1     7
 -1.0754481595262446E+01 a      1040     0    44     1     8
  8.9130037230179209E+00 a      1041     0    44     1     9
 -5.1100078630577062E-01 a      1042     0    44     1    10
  8.0053463680600920E+00 a      1043     0    44     1    11
 -5.2184477850323929E-01 a      1044     0    44     1    12
  7.6501829107501351E-01 a      1045     0    44     1    13
  6.4266215138796747E+00 a      1046     0    44     1    14
  5.8184535354723899E-01 a      1047     0    44     1    15
  2.9150554154634949E+00 a      1048     0    44     1    16
  3.1433193955133882E+00 a      1049     0    44     1    17
 -3.7997879919021331E+00 a      1050     0    44     1    18
  5.0048690008622607E+00 a      1051     0    44     1    19
 -2.9127727163766659E+00 a      1052     0    44     1    20
  4.0954957011679234E+00 a      1053     0    44     1    21
  3.4682949343075977E+00 a      1054     0    44     1    22
 -1.1448351358607628E+01 a      1055     0    44     1    23
 -3.0808068804470508E+00 a      1056     0    44     1    24
  1.4015143721310639E+00 a      1057     0    45     1     1
  1.3105380659561827E+00 a      1058     0    45     1     2
  2.0412674236162913E+00 a      1059     0    45     1     3
  1.8405102282627575E+00 a      1060     0    45     1     4
  1.1498341039542763E+00 a      1061     0    45     1     5
  3.4091087275830287E+00 a      1062     0    45     1     6
 -5.4992022478995217E-01 a      1063     0    45     1     7
 -6.3756103830496116E+00 a      1064     0    45     1     8
 -2.3296399637074491E-01 a      1065     0    45     1     9
  6.0506061319905835E-01 a      1066     0    45     1    10
  3.6638637968683031E-02 a      1067     0    45     1    11
 -4.0258499869127107E-01 a      1068     0    45     1    12
  1.2076991658005563E+00 a      1069     0    45     1    13
  4.6946686451027357E+00 a      1070     0    45     1    14
  3.9026440680459991E+00 a      1071     0    45     1    15
 -7.2738385811492323E-01 a      1072     0    45     1    16
  4.6678816548096491E-01 a      1073     0    45     1    17
  3.2839296412647672E+00 a      1074     0    45     1    18
  1.6651129143446803E+00 a      1075     0    45     1    19
 -1.5866046967214964E-01 a      1076     0    45     1    20
 -4.8740595800797237E-01 a      1077     0    45     1    21
  9.5982442617064523E-01 a      1078     0    45     1    22
 -3.2338401118408910E+00 a      1079     0    45     1    23
 -3.0491674796536832E+00 a      1080     0    45     1    24
  2.5001244346336793E+00 a      1081     0    46     1     1
 -2.2517922732921862E+00 a      1082     0    46     1     2
 -6.5543448514473113E+00 a      1083     0    46     1     3
 -6.3275524094641034E+00 a      1084     0    46     1     4
 -1.5006323148295420E+00 a      1085     0    46     1     5
  2.5921226582334111E+00 a      1086     0    46     1     6
  3.4708092645476962E+00 a      1087     0    46     1     7
 -3.3699096278745468E+00 a      1088     0    46     1     8
 -1.5483276662262904E+00 a      1089     0    46     1     9
 -1.7447395836063042E+00 a      1090     0    46     1    10
 -1.4886027220805855E+00 a      1091     0    46     1    11
  4.6744942086953500E+00 a      1092     0    46     1    12
 -2.0330977077251782E+00 a      1093     0    46     1    13
  6.9597248336100159E-01 a      1094     0    46     1    14
  3.1570556156678298E+00 a      1095     0    46     1    15
 -3.1940978260237696E-01 a      1096     0    46     1    16
 -5.3549278858253873E+00 a      1097     0    46     1    17
  3.2777205748670668E+00 a      1098     0    46     1    18
 -3.7164893536695045E+00 a      1099     0    46     1    19
 -6.6615564304532233E+00 a      1100     0    46     1    20
  6.1417804582170932E-01 a      1101     0    46     1    21
  5.6187928446294055E-01 a      1102     0    46     1    22
  4.1400249014551038E+00 a      1103     0    46     1    23
 -7.4492683998802947E-02 a      1104     0    46     1    24
 -3.8299960154815754E-01 a      1105     0    47     1     1
  1.9306821466096116E+00 a      1106     0    47     1     2
 -6.4690412472106251E+00 a      1107     0    47     1     3
  1.8964318656778612E+00 a      1108     0    47     1     4
 -2.4793471642762335E-01 a      1109     0    47     1     5
 -4.9756221541265938E-01 a      1110     0    47     1     6
 -1.0913095089144680E+00 a      1111     0    47     1     7
  3.0098638796735830E+00 a      1112     0    47     1     8
 -6.2955088650738311E-01 a      1113     0    47     1     9
 -2.9760178724744017E+00 a      1114     0    47     1    10
  2.1633635776809768E+00 a      1115     0    47     1    11
  2.7558922900692231E+00 a      1116     0    47     1    12
  3.3035390007350518E+00 a      1117     0    47     1    13
 -4.2668025324462916E-01 a      1118     0    47     1    14
  2.6033797872902587E+00 a      1119     0    47     1    15
 -3.4659474226401654E+00 a      1120     0    47     1    16
  5.5475753561625174E+00 a      1121     0    47     1    17
  6.1436986553215012E-01 a      1122     0    47     1    18
 -2.7281594995538803E+00 a      1123     0    47     1    19
  5.8108561069963560E-01 a      1124     0    47     1    20
  2.6025133178654776E+00 a      1125     0    47     1    21
  3.2216220805490283E+00 a      1126     0    47     1    22
  1.1160762046166866E+00 a      1127     0    47     1    23
  2.2222572516481289E+00 a      1128     0    47     1    24
 -1.1354316273908271E+00 a      1129     0    48     1     1
 -3.5922662797454588E+00 a      1130     0    48     1     2
 -7.5903744741697805E+00 a      1131     0    48     1     3
 -1.1366300366661981E+00 a      1132     0    48     1     4
  9.3512537663288455E+00 a      1133     0    48     1     5
  4.5166009393219584E+00 a      1134     0    48     1     6
  3.0786522696121965E+00 a      1135     0    48     1     7
 -4.5338116466997267E+00 a      1136     0    48     1     8
  5.4609761985379155E+00 a      1137     0    48     1     9
 -5.1651733694712902E+00 a      1138     0    48     1    10
 -5.4124920799599989E+00 a      1139     0    48     1    11
 -3.1828533619449693E+00 a      1140     0    48     1    12
  2.1304876458987718E+00 a      1141     0    48     1    13
 -2.1469970973253649E-02 a      1142     0    48     1    14
  3.6006711837452330E+00 a      1143     0    48     1    15
  1.6408026280462782E+00 a      1144     0    48     1    16
 -8.1477328373503910E-01 a      1145     0    48     1    17
  2.6760988210668049E+00 a      1146     0    48     1    18
 -6.6465598770851013E+00 a      1147     0    48     1    19
 -6.4318609893776211E+00 a      1148     0    48     1    20
  9.6205742537526651E-01 a      1149     0    48     1    21
  6.4791728804525386E+00 a      1150     0    48     1    22
 -2.5276876964317059E+00 a      1151     0    48     1    23
 -5.1523711767001297E+00 a      1152     0    48     1    24
 -8.0468734616834892E-01 a      1153     0    49     1     1
 -1.3045277216923903E+01 a      1154     0    49     1     2
  8.6274136766662988E+00 a      1155     0    49     1     3
  7.3500810758446917E+00 a      1156     0    49     1     4
  1.4114987870698634E+00 a      1157     0    49     1     5
  6.9557351018352538E+00 a      1158     0    49     1     6
  4.5005239200706013E+00 a      1159     0    49     1     7
  3.6264411202554356E+00 a      1160     0    49     1     8
  4.9027526267492183E+00 a      1161     0    49     1     9
  6.9457811677735064E+00 a      1162     0    49     1    10
  9.0892082467288826E-01 a      1163     0    49     1    11
  4.1508552769700522E+00 a      1164     0    49     1    12
  7.0908543223617029E+00 a      1165     0    49     1    13
 -2.5821499543783202E+00 a      1166     0    49     1    14
 -1.0753900852528421E+01 a      1167     0    49     1    15
 -8.7436061748275709E+00 a      1168     0    49     1    16
  3.8795388360775879E-01 a      1169     0    49     1    17
 -6.9934462611149781E+00 a      1170     0    49     1    18
 -1.3015994156437724E+01 a      1171     0    49     1    19
 -1.0770690445270949E+01 a      1172     0    49     1    20
 -5.6086819015176399E+00 a      1173     0    49     1    21
 -8.5889979061332848E+00 a      1174     0    49     1    22
 -1.1942671728601031E+00 a      1175     0    49     1    23
 -6.0939647825269274E+00 a      1176     0    49     1    24
  7.1505445093824782E-01 a      1177     0    50     1     1
  5.0275008445216138E-02 a      1178     0    50     1     2
 -1.2717695163479812E+00 a      1179     0    50     1     3
  1.1274610947833537E+00 a      1180     0    50     1     4
  3.2542476633155665E-01 a      1181     0    50     1     5
 -8.2501518939603358E-01 a      1182     0    50     1     6
  3.0772188293187924E-02 a      1183     0    50     1     7
 -3.0727061002770084E-01 a      1184     0    50     1     8
  8.9856297820352482E-01 a      1185     0    50     1     9
  1.9726790885401718E-02 a      1186     0    50     1    10
  1.2923236581697326E+00 a      1187     0    50     1    11
  8.8072580573480974E-01 a      1188     0    50     1    12
  3.0193637344516272E-01 a      1189     0    50     1    13
  3.4593405985672598E-01 a      1190     0    50     1    14
 -4.0763303320626099E-01 a      1191     0    50     1    15
  1.5282739867357847E-01 a      1192     0    50     1    16
 -2.8463722845873829E-01 a      1193     0    50     1    17
 -6.4147998864732125E-01 a      1194     0    50     1    18
 -3.3411098497089770E-01 a      1195     0    50     1    19
  8.4724732486038923E-01 a      1196     0    50     1    20
  5.0370365818654013E-02 a      1197     0    50     1    21
 -1.2206724009002916E+00 a      1198     0    50     1    22
  1.3168355074693242E-01 a      1199     0    50     1    23
 -5.5993023850331713E-01 a      1200     0    50     1    24
 -1.9408052002651322E-02 a      1201     0    51     1     1
 -4.7660454570271482E-01 a      1202     0    51     1     2
 -2.9039107108012308E-01 a      1203     0    51     1     3
 -6.1383948127117427E-01 a      1204     0    51     1     4
 -9.2783899742297449E-01 a      1205     0    51     1     5
 -2.1634816116164113E-01 a      1206     0    51     1     6
  3.8501939442765243E-01 a      1207     0    51     1     7
  8.1116362501217298E-01 a      1208     0    51     1     8
 -1.0480490100156834E+00 a      1209     0    51     1     9
  1.5611686927265581E-01 a      1210     0    51     1    10
 -6.1688477181983847E-01 a      1211     0    51     1    11
  1.7659101160507210E-01 a      1212     0    51     1    12
 -2.9756862314730387E-01 a      1213     0    51     1    13
 -9.7207040857154592E-01 a      1214     0    51     1    14
 -9.9411915767133363E-01 a      1215     0    51     1    15
 -9.4961721637214291E-01 a      1216     0    51     1    16
 -9.1808322575839518E-01 a      1217     0    51     1    17
 -7.1876244092277997E-01 a      1218     0    51     1    18
  3.8238383581739914E-02 a      1219     0    51     1    19
 -6.3595732367732383E-01 a      1220     0    51     1    20
  1.6519776655093740E-01 a      1221     0    51     1    21
 -1.9946418095960006E-01 a      1222     0    51     1    22
  6.3728333255172132E-01 a      1223     0    51     1    23
  4.0267442914995827E-01 a      1224     0    51     1    24
 -7.2486728214776741E-01 a      1225     0    52     1     1
 -1.1616972495885254E-01 a      1226     0    52     1     2
  9.6005065113491694E-01 a      1227     0    52     1     3
 -1.3869561235237127E-01 a      1228     0    52     1     4
  4.0055910371159098E-01 a      1229     0    52     1     5
 -1.9575200170972040E+00 a      1230     0    52     1     6
 -1.0683985046861439E+00 a      1231     0    52     1     7
  3.8918573610929448E+00 a      1232     0    52     1     8
 -2.1339620817750728E+00 a      1233     0    52     1     9
  2.7132783065880051E-01 a      1234     0    52     1    10
 -1.7435750327125414E+00 a      1235     0    52     1    11
  1.4597180590926861E+00 a      1236     0    52     1    12
  2.7074842595107124E-01 a      1237     0    52     1    13
  1.3427326829052100E+00 a      1238     0    52     1    14
 -2.5805371109638919E+00 a      1239     0    52     1    15
 -3.2264810760594327E+00 a      1240     0    52     1    16
  2.4425263485267359E+00 a      1241     0    52     1    17
 -5.2213047712971683E-01 a      1242     0    52     1    18
 -2.5524527644745526E-01 a      1243     0    52     1    19
 -3.4930727785847022E+00 a      1244     0    52     1    20
 -2.1564511426412629E+00 a      1245     0    52     1    21
 -5.0497857921230527E-01 a      1246     0    52     1    22
 -3.1964675568970113E+00 a      1247     0    52     1    23
 -2.2055821524328492E+00 a      1248     0    52     1    24
 -3.0358293497357214E-01 a      1249     0    53     1     1
 -2.1529084353308230E+00 a      1250     0    53     1     2
  1.4180325903501421E+00 a      1251     0    53     1     3
  6.5902300475093967E-01 a      1252     0    53     1     4
 -8.7327492633480441E-01 a      1253     0    53     1     5
  2.6721207030526223E-01 a      1254     0    53     1     6
 -5.1119351489790228E+00 a      1255     0    53     1     7
 -8.8142016723190275E-01 a      1256     0    53     1     8
 -2.9518751999166897E+00 a      1257     0    53     1     9
  8.4431260752667259E-01 a      1258     0    53     1    10
 -3.2212818493790794E+00 a      1259     0    53     1    11
  2.2503870245952898E-01 a      1260     0    53     1    12
  1.1576613433350782E+00 a      1261     0    53     1    13
 -6.4605939772437426E-01 a      1262     0    53     1    14
 -2.0680967820880308E-03 a      1263     0    53     1    15
 -1.4326323697051522E+00 a      1264     0    53     1    16
 -1.1497234361706068E+00 a      1265     0    53     1    17
  3.1301028898564836E+00 a      1266     0    53     1    18
 -1.8546489224431930E+00 a      1267     0    53     1    19
  3.9433878658455352E+00 a      1268     0    53     1    20
 -2.3803971515872586E+00 a      1269     0    53     1    21
 -3.4954941340757695E+00 a      1270     0    53     1    22
  4.7571302091297465E+00 a      1271     0    53     1    23
 -5.8428604130077078E-01 a      1272     0    53     1    24
  8.5051684427673760E-02 a      1273     0    54     1     1
 -1.6755850016642593E+00 a      1274     0    54     1     2
 -2.3571334439925229E-01 a      1275     0    54     1     3
  1.0418096056115141E-01 a      1276     0    54     1     4
 -2.8822897304928191E-01 a      1277     0    54     1     5
 -6.7486278297969471E-01 a      1278     0    54     1     6
 -3.1673513567585315E-01 a      1279     0    54     1     7
  4.7601767443568810E-02 a      1280     0    54     1     8
  1.2562151059015805E+00 a      1281     0    54     1     9
 -2.4737541984761349E-01 a      1282     0    54     1    10
  2.0104214348558469E-01 a      1283     0    54     1    11
 -1.2290503851053063E+00 a      1284     0    54     1    12
  1.3212582998040916E+00 a      1285     0    54     1    13
 -1.0105124105497705E+00 a      1286     0    54     1    14
 -8.2415142975952915E-01 a      1287     0    54     1    15
  1.6044751308068474E+00 a      1288     0    54     1    16
 -5.0493986080747411E-01 a      1289     0    54     1    17
 -7.9018999604969609E-01 a      1290     0    54     1    18
 -3.3995072152947010E-02 a      1291     0    54     1    19
 -2.1056953288297993E+00 a      1292     0    54     1    20
 -3.9695944553884877E-01 a      1293     0    54     1    21
  1.4475927542455931E+00 a      1294     0    54     1    22
 -1.3223031331009472E+00 a      1295     0    54     1    23
 -9.1183539394656021E-01 a      1296     0    54     1    24
  1.5523464775155252E-01 a      1297     0    55     1     1
 -9.7492590582415861E-01 a      1298     0    55     1     2
  3.6968511675984863E+00 a      1299     0    55     1     3
  2.6806854034849636E+00 a      1300     0    55     1     4
  1.1130951807874740E+00 a      1301     0    55     1     5
 -1.5824487530827042E-01 a      1302     0    55     1     6
 -2.0725036483217618E+00 a      1303     0    55     1     7
 -4.2139512549239972E+00 a      1304     0    55     1     8
  2.6664091613526768E+00 a      1305     0    55     1     9
  8.2878456224890185E-01 a      1306     0    55     1    10
  6.0546599315888838E-01 a      1307     0    55     1    11
 -4.9354078784050621E+00 a      1308     0    55     1    12
  1.6201034980539799E+00 a      1309     0    55     1    13
  6.5894453519284391E-01 a      1310     0    55     1    14
 -1.7866462014375435E+00 a      1311     0    55     1    15
  5.7598011671153089E-02 a      1312     0    55     1    16
  5.1113484035889045E-01 a      1313     0    55     1    17
 -3.4346902047772279E+00 a      1314     0    55     1    18
  1.0708443205758744E+00 a      1315     0    55     1    19
  2.1143863587353837E+00 a      1316     0    55     1    20
 -4.8808658572933948E-02 a      1317     0    55     1    21
 -1.7787036422798114E-01 a      1318     0    55     1    22
 -1.3181087663042537E+00 a      1319     0    55     1    23
 -6.2386300441265907E-01 a      1320     0    55     1    24
  8.8934797604531091E-01 a      1321     0    56     1     1
 -3.8649638102519179E+00 a      1322     0    56     1     2
  3.7082344977858233E+00 a      1323     0    56     1     3
 -1.5994988649095138E-01 a      1324     0    56     1     4
  1.7164377331817962E+00 a      1325     0    56     1     5
  3.4803662001395153E+00 a      1326     0    56     1     6
  1.3877585129390473E+00 a      1327     0    56     1     7
 -1.0467986924730681E-01 a      1328     0    56     1     8
  8.1854199611899692E-01 a      1329     0    56     1     9
  2.1386784591879593E+00 a      1330     0    56     1    10
 -2.6185503031671438E+00 a      1331     0    56     1    11
 -3.1749304812830608E+00 a      1332     0    56     1    12
 -1.4288619183637594E+00 a      1333     0    56     1    13
 -1.9046493028812199E+00 a      1334     0    56     1    14
 -5.7841959678577459E-01 a      1335     0    56     1    15
  3.3065485729875723E+00 a      1336     0    56     1    16
 -2.4329950786726822E+00 a      1337     0    56     1    17
  1.6264531864270126E+00 a      1338     0    56     1    18
  3.0262723332269065E-01 a      1339     0    56     1    19
 -8.0575956587016762E-01 a      1340     0    56     1    20
 -7.7117676504786059E-01 a      1341     0    56     1    21
 -1.0470104279640686E+00 a      1342     0    56     1    22
 -3.3553950942152877E+00 a      1343     0    56     1    23
 -1.7384091685557688E+00 a      1344     0    56     1    24
  2.6232052347981782E+00 a      1345     0    57     1     1
 -4.5791840675320877E-01 a      1346     0    57     1     2
  2.5009588808686831E+00 a      1347     0    57     1     3
 -1.6710469527648195E-02 a      1348     0    57     1     4
 -8.7747654949689691E-01 a      1349     0    57     1     5
  5.2768373276639813E-01 a      1350     0    57     1     6
 -1.2997747679964267E+00 a      1351     0    57     1     7
  1.9346886715177249E+00 a      1352     0    57     1     8
 -5.8697088797858166E-01 a      1353     0    57     1     9
  1.0084258446347343E+00 a      1354     0    57     1    10
  6.6849584072571755E-01 a      1355     0    57     1    11
  1.2527242119245132E+00 a      1356     0    57     1    12
 -3.7152411790470232E+00 a      1357     0    57     1    13
  1.8736489709892812E+00 a      1358     0    57     1    14
 -1.2868906954348063E+00 a      1359     0    57     1    15
 -1.0534549122640817E+00 a      1360     0    57     1    16
  2.2674161106571180E+00 a      1361     0    57     1    17
 -2.6964697133947100E+00 a      1362     0    57     1    18
 -5.4870353834559238E-01 a      1363     0    57     1    19
 -4.4855569519534944E-01 a      1364     0    57     1    20
  1.5851191402122042E-01 a      1365     0    57     1    21
 -6.1549243982763171E+00 a      1366     0    57     1    22
 -1.7276347040779569E+00 a      1367     0    57     1    23
  2.5550659252755161E+00 a      1368     0    57     1    24
  2.6110694295980132E+00 a      1369     0    58     1     1
  1.3562823750888700E+00 a      1370     0    58     1     2
 -7.1104019087350538E+00 a      1371     0    58     1     3
 -2.4355655218352874E+00 a      1372     0    58     1     4
 -2.3746897286405129E+00 a      1373     0    58     1     5
  5.2665301469573382E+00 a      1374     0    58     1     6
  3.4432965181617687E+00 a      1375     0    58     1     7
  5.7934723238873111E+00 a      1376     0    58     1     8
 -3.5386002814126860E-01 a      1377     0    58     1     9
 -2.9649161948722478E+00 a      1378     0    58     1    10
  6.7517248686997566E-01 a      1379     0    58     1    11
  4.1378864204593091E+00 a      1380     0    58     1    12
 -6.9918297664742877E+00 a      1381     0    58     1    13
 -2.2489235105353553E+00 a      1382     0    58     1    14
  9.0560323629702832E+00 a      1383     0    58     1    15
  6.2753282235695815E+00 a      1384     0    58     1    16
 -9.0981999914661971E-01 a      1385     0    58     1    17
  3.3417271174906080E+00 a      1386     0    58     1    18
  5.4014136655800959E-01 a      1387     0    58     1    19
  4.6596039204342343E+00 a      1388     0    58     1    20
  2.4997324518634851E+00 a      1389     0    58     1    21
 -8.2331821987290243E-01 a      1390     0    58     1    22
  3.4617895538806871E+00 a      1391     0    58     1    23
  1.1661473801377209E+01 a      1392     0    58     1    24
  2.7930166745944125E+00 a      1393     0    59     1     1
 -2.7367434055536357E+00 a      1394     0    59     1     2
 -1.3200776652145583E+00 a      1395     0    59     1     3
 -1.4583959261475055E+00 a      1396     0    59     1     4
  7.5948634440518994E+00 a      1397     0    59     1     5
 -2.2036007250818841E+00 a      1398     0    59     1     6
  6.8770558081360944E+00 a      1399     0    59     1     7
  5.3845871180821865E+00 a      1400     0    59     1     8
  2.2956863172650572E+00 a      1401     0    59     1     9
 -3.2768366759554386E+00 a      1402     0    59     1    10
  6.5742196465406915E+00 a      1403     0    59     1    11
  4.8299461431916795E+00 a      1404     0    59     1    12
  3.6912462934205568E+00 a      1405     0    59     1    13
  6.8148070071762490E+00 a      1406     0    59     1    14
 -2.7355794416836265E+00 a      1407     0    59     1    15
 -2.7944750609981472E+00 a      1408     0    59     1    16
  4.7485414833851172E+00 a      1409     0    59     1    17
  6.0519573916517899E+00 a      1410     0    59     1    18
  1.4995885052555924E+00 a      1411     0    59     1    19
  1.0872627709685332E+01 a      1412     0    59     1    20
  9.1858303949616293E-01 a      1413     0    59     1    21
 -1.9290700940239907E+00 a      1414     0    59     1    22
 -7.4782359471654458E-02 a      1415     0    59     1    23
  7.1657234993666306E+00 a      1416     0    59     1    24
 -1.7263391964238441E+00 a      1417     0    60     1     1
  8.1389711470869452E-01 a      1418     0    60     1     2
 -5.9927269558755880E-01 a      1419     0    60     1     3
  7.7792593441982472E-02 a      1420     0    60     1     4
 -1.5554865031765335E+00 a      1421     0    60     1     5
 -2.1710838260726804E+00 a      1422     0    60     1     6
  1.4413460982628705E+00 a      1423     0    60     1     7
  8.5029306576575419E+00 a      1424     0    60     1     8
 -2.9079550319815826E+00 a      1425     0    60     1     9
 -5.4170213520367771E-01 a      1426     0    60     1    10
 -2.0570161202836035E+00 a      1427     0    60     1    11
  1.4687885534263168E+00 a      1428     0    60     1    12
 -2.3890203665728622E+00 a      1429     0    60     1    13
 -3.9768958867273829E+00 a      1430     0    60     1    14
 -6.0472334449300474E-02 a      1431     0    60     1    15
 -2.0522567150874127E+00 a      1432     0    60     1    16
 -9.6417876073370568E-01 a      1433     0    60     1    17
 -2.2028841520560256E+00 a      1434     0    60     1    18
 -3.0697135689729000E+00 a      1435     0    60     1    19
 -2.6696167504985815E+00 a      1436     0    60     1    20
 -1.9348291588517752E-01 a      1437     0    60     1    21
  5.5977543473477498E-01 a      1438     0    60     1    22
  3.2371908731784362E+00 a      1439     0    60     1    23
  2.3875181116202615E+00 a      1440     0    60     1    24
 -3.0400542917558244E+00 a      1441     0    61     1     1
  2.8744378496622653E+00 a      1442     0    61     1     2
  6.6389200022689632E-01 a      1443     0    61     1     3
  1.3729787893497798E+00 a      1444     0    61     1     4
  1.2332583996672508E+00 a      1445     0    61     1     5
  1.2299856538976019E+00 a      1446     0    61     1     6
  2.4365617519507339E+00 a      1447     0    61     1     7
  7.4179205947254943E+00 a      1448     0    61     1     8
 -1.4283061145006752E+00 a      1449     0    61     1     9
 -2.7607602236716109E-03 a      1450     0    61     1    10
  1.1484072717348017E+00 a      1451     0    61     1    11
  2.8289124136105777E+00 a      1452     0    61     1    12
  1.5181527315306185E+00 a      1453     0    61     1    13
  1.5911605499396747E-01 a      1454     0    61     1    14
 -1.5976345946154502E+00 a      1455     0    61     1    15
 -1.3474852187877148E-01 a      1456     0    61     1    16
  4.3477254379768961E+00 a      1457     0    61     1    17
  3.6798758022458684E+00 a      1458     0    61     1    18
  3.4728027631062037E+00 a      1459     0    61     1    19
  3.2428393567568161E+00 a      1460     0    61     1    20
 -7.4306354415985865E-01 a      1461     0    61     1    21
  2.1139911143134915E-01 a      1462     0    61     1    22
 -4.4662794508886821E+00 a      1463     0    61     1    23
  3.1911047643556711E-01 a      1464     0    61     1    24
 -6.4589554996245246E-01 a      1465     0    62     1     1
  2.1471391192202560E+00 a      1466     0    62     1     2
  4.0783883198320607E+00 a      1467     0    62     1     3
  1.5405507197610753E+00 a      1468     0    62     1     4
 -5.7429973629717024E+00 a      1469     0    62     1     5
 -2.1105012734603146E+00 a      1470     0    62     1     6
 -7.0040830927100461E-01 a      1471     0    62     1     7
  1.7695334387818211E+00 a      1472     0    62     1     8
 -3.2575705265076897E+00 a      1473     0    62     1     9
  2.8112353764854729E+00 a      1474     0    62     1    10
  5.8866628865891721E+00 a      1475     0    62     1    11
  1.1092762729281276E+00 a      1476     0    62     1    12
  3.2608362405466509E+00 a      1477     0    62     1    13
 -2.1498446913452001E+00 a      1478     0    62     1    14
 -1.1130208326589144E+00 a      1479     0    62     1    15
 -2.7312290729485496E-02 a      1480     0    62     1    16
 -3.5444564440525217E-01 a      1481     0    62     1    17
  2.6114745384278621E+00 a      1482     0    62     1    18
  6.2127210846017205E+00 a      1483     0    62     1    19
  6.5614867237423189E+00 a      1484     0    62     1    20
  4.4857238454407428E-01 a      1485     0    62     1    21
  2.4718981435822868E-02 a      1486     0    62     1    22
  3.4193495296891863E+00 a      1487     0    62     1    23
  1.5574885255885487E+00 a      1488     0    62     1    24
 -6.3847289826520948E-01 a      1489     0    63     1     1
  9.0015487118219684E-01 a      1490     0    63     1     2
 -1.5577200133799070E+00 a      1491     0    63     1     3
 -5.7468696097055583E-01 a      1492     0    63     1     4
  3.3662578719362407E-01 a      1493     0    63     1     5
 -1.3047382554346403E+00 a      1494     0    63     1     6
  6.2705295122697047E-01 a      1495     0    63     1     7
  4.5680832370243065E+00 a      1496     0    63     1     8
 -8.9919454965435675E-01 a      1497     0    63     1     9
 -6.4581101557689857E-01 a      1498     0    63     1    10
 -7.3797260997427605E-01 a      1499     0    63     1    11
  1.6163188661006997E+00 a      1500     0    63     1    12
 -2.6035557703698329E+00 a      1501     0    63     1    13
 -3.0197126853164202E+00 a      1502     0    63     1    14
 -1.8107379121311307E+00 a      1503     0    63     1    15
 -9.4842705170621633E-01 a      1504     0    63     1    16
  8.9516730464555005E-01 a      1505     0    63     1    17
 -7.1811683527663606E-01 a      1506     0    63     1    18
 -1.3260471204745894E+00 a      1507     0    63     1    19
  5.7258137649874030E-01 a      1508     0    63     1    20
  1.3129336089580137E+00 a      1509     0    63     1    21
 -1.9518317142056869E+00 a      1510     0    63     1    22
  2.8771725149102352E+00 a      1511     0    63     1    23
  3.0499880287217027E+00 a      1512     0    63     1    24
 -1.1690279356524922E+00 a      1513     0    64     1     1
  6.7279863633456181E+00 a      1514     0    64     1     2
  9.2950765985078954E-01 a      1515     0    64     1     3
 -3.7797449778967889E+00 a      1516     0    64     1     4
  1.6289849975482149E+00 a      1517     0    64     1     5
 -1.1738595539967687E+01 a      1518     0    64     1     6
 -9.1913977941388101E+00 a      1519     0    64     1     7
 -1.3824259931871493E+01 a      1520     0    64     1     8
 -1.1514668756005408E+00 a      1521     0    64     1     9
 -3.4297489913316102E+00 a      1522     0    64     1    10
 -1.1651137916124925E+00 a      1523     0    64     1    11
 -8.3993640256820594E+00 a      1524     0    64     1    12
  2.1815540711228905E+00 a      1525     0    64     1    13
  7.1526769576455846E+00 a      1526     0    64     1    14
 -2.9141926899316419E+00 a      1527     0    64     1    15
 -2.4981605646221672E+00 a      1528     0    64     1    16
  1.1582782822408770E+00 a      1529     0    64     1    17
 -3.4156413735961015E+00 a      1530     0    64     1    18
  8.4829322407864041E+00 a      1531     0    64     1    19
  5.4413011831289615E-01 a      1532     0    64     1    20
  1.8532881907818153E+00 a      1533     0    64     1    21
  4.4201392389867449E+00 a      1534     0    64     1    22
 -6.3617298609749797E+00 a      1535     0    64     1    23
 -1.0414985584848987E+01 a      1536     0    64     1    24
  2.6544346806652325E-01 b      1537     1     1
  5.6060271632365946E-02 b      1538     1     2
 -1.0139926454231528E-01 b      1539     1     3
  5.6616318675838238E-02 b      1540     1     4
  1.4369993444095328E-01 b      1541     1     5
  4.1934044439447921E-01 b      1542     1     6
 -5.2551393516123450E-04 b      1543     1     7
  2.3364621235390609E-01 b      1544     1     8
  3.2827092508765221E-01 b      1545     1     9
  4.2509864374742135E-01 b      1546     1    10
  1.8354059392578503E-01 b      1547     1    11
  1.3546204797907671E-01 b      1548     1    12
  8.6544743144823716E-02 b      1549     1    13
 -1.6562176239728846E-01 b      1550     1    14
  5.0159028539387765E-02 b      1551     1    15
  1.8189670441955344E-01 b      1552     1    16
  8.2179780336723685E-02 b      1553     1    17
  1.8714286809211081E-01 b      1554     1    18
 -5.1051834504737374E-02 b      1555     1    19
  4.3167390469506857E-02 b      1556     1    20
  4.9636295118526089E-02 b      1557     1    21
  2.3325470851124125E-01 b      1558     1    22
 -7.5646340255474231E-02 b      1559     1    23
  3.4992539407927969E-01 b      1560     1    24
  3.5049155177448381E-02 a      1561     1     1     2     1
  6.6860279565844327E-01 a      1562     1     1     2     2
  4.0677837783642096E-01 a      1563     1     1     2     3
 -6.2115315420881917E-02 a      1564     1     1     2     4
  1.0826981992990024E+00 a      1565     1     1     2     5
 -1.0722039321011786E-01 a      1566     1     1     2     6
  6.9171731049816354E-01 a      1567     1     1     2     7
 -1.2408510168250023E-01 a      1568     1     1     2     8
 -4.5205925837846656E-01 a      1569     1     1     2     9
  3.3552685568027291E-01 a      1570     1     1     2    10
 -4.9550898181434255E-01 a      1571     1     1     2    11
 -1.8919720158428484E+00 a      1572     1     1     2    12
  6.1984792488391638E-01 a      1573     1     1     2    13
  3.3231523033614585E-01 a      1574     1     1     2    14
 -7.1022114749181658E-02 a      1575     1     1     2    15
  4.0581172697868118E-01 a      1576     1     1     2    16
  4.6589197432072710E-01 a      1577     1     1     2    17
  4.4047159879837866E-01 a      1578     1     1     2    18
  2.7479540750910442E-01 a      1579     1     1     2    19
  1.6280577748297850E-01 a      1580     1     1     2    20
  1.2655879761135285E+00 a      1581     1     1     2    21
 -7.9375869737712179E-01 a      1582     1     1     2    22
  3.2234399878604519E-01 a      1583     1     1     2    23
 -5.4291476798374994E-01 a      1584     1     1     2    24
  7.5272355226121601E-01 a      1585     1     2     2     1
 -7.8725821853260353E-02 a      1586     1     2     2     2
  9.5236283310505099E-01 a      1587     1     2     2     3
 -1.4168028405346453E+00 a      1588     1     2     2     4
  1.8748136150713541E+00 a      1589     1     2     2     5
  2.7289312802368332E-01 a      1590     1     2     2     6
 -8.9791237977344251E-01 a      1591     1     2     2     7
 -1.7158473680364181E-01 a      1592     1     2     2     8
  6.1585296812985268E-01 a      1593     1     2     2     9
  4.7599269790035226E-01 a      1594     1     2     2    10
  1.7877629159732933E-01 a      1595     1     2     2    11
 -2.1955676364314972E-01 a      1596     1     2     2    12
  8.3286322091286669E-01 a      1597     1     2     2    13
  6.4459000417115508E-01 a      1598     1     2     2    14
 -1.6290982959097333E-01 a      1599     1     2     2    15
  1.9378539577427703E+00 a      1600     1     2     2    16
 -4.9900175393433938E-01 a      1601     1     2     2    17
  1.1843685500471317E+00 a      1602     1     2     2    18
  3.4424812269435401E-01 a      1603     1     2     2    19
 -3.3903233775569183E-02 a      1604     1     2     2    20
 -4.4936592547919818E-01 a      1605     1     2     2    21
 -1.0990583390908618E-01 a      1606     1     2     2    22
  5.3329256727993091E-01 a      1607     1     2     2    23
 -4.9664962342270197E-01 a      1608     1     2     2    24
  1.6398932497199131E-01 a      1609     1     3     2     1
 -8.9164896762073220E-01 a      1610     1     3     2     2
  2.1006139437011581E-01 a      1611     1     3     2     3
 -2.1930953567669473E-01 a      1612     1     3     2     4
 -7.1101568800705850E-01 a      1613     1     3     2     5
  3.3882215796566917E-02 a      1614     1     3     2     6
  5.1576793392899956E-01 a      1615     1     3     2     7
 -4.7669149974624442E-01 a      1616     1     3     2     8
  5.4778306283426093E-01 a      1617     1     3     2     9
 -4.9106800270782242E-01 a      1618     1     3     2    10
 -8.6090038635126528E-02 a      1619     1     3     2    11
 -7.5039813332107974E-01 a      1620     1     3     2    12
 -1.5390219937731731E+00 a      1621     1     3     2    13
 -3.1288070223540243E-01 a      1622     1     3     2    14
 -5.2703990470205109E-01 a      1623     1     3     2    15
 -6.5089939369985597E-02 a      1624     1     3     2    16
  9.6385791759999639E-01 a      1625     1     3     2    17
 -1.8598140470721055E-02 a      1626     1     3     2    18
 -1.6317363856377951E-01 a      1627     1     3     2    19
