     -0.3087923606
     -0.0034021373
      0.7638675561
      0.1619122428
     -0.0491092139
     -0.7253039462
      0.0226796810
      0.2101217255
     -0.0711179785
     -0.3524675219
     -0.2150468420
      0.3985108811
     -0.2416688248
      0.2886701880
     -0.2272719354
      0.1438727866
     -0.0260009708
     -0.1938986556
      0.3503823144
     -0.0828349779
      0.5248961266
     -0.4606547318
     -0.2451931239
     -0.1271680332
     -0.3128436218
      0.4607632800
      0.1980460325
      0.2639627109
     -0.2627490041
     -0.8014274901
     -0.0051006900
     -0.7880696883
     -0.4456151507
      0.0352501573
     -0.3596962005
     -0.4066357689
     -0.5951933330
      0.5618900587
     -0.2624598505
      0.2112478357
      0.3426774474
     -0.5639692507
      0.8476118054
     -0.1822431262
      0.6273185335
      0.3971707771
     -0.1576473682
     -0.3571598959
     -0.1690516445
      0.3165944097
      0.3168869213
     -0.1784319360
      0.2362741061
      0.1141012646
      0.2323941965
     -1.5979442504
      0.6897810717
     -0.0201626874
      0.6883765439
     -1.7809608775
     -0.5795431113
     -0.4005186161
     -0.3248138892
     -0.0962635170
     -0.2045547315
     -0.7389404760
     -0.2057645157
     -0.3109791327
      0.8642350313
     -1.1688937604
     -0.1042237921
      0.0284026022
     -0.3324055908
     -0.3359354553
      0.3279840991
      0.0319301403
      0.1001687593
     -0.9006057601
      0.2644891561
      1.2747357676
      0.0483337020
     -0.4201785679
     -0.7531442275
      0.0581065709
     -0.0009082035
      0.6040357508
     -0.3393621606
     -0.1074087922
      0.0068740569
     -0.2584796256
      0.1100444398
      0.0766192769
     -1.1856794774
      0.3572933651
      0.2119758682
      0.1434023021
     -0.2965114557
      0.1545715547
      0.2662137409
     -0.1865272571
     -0.0378027208
     -0.9153498076
      0.2787961236
      0.7210244992
      0.1154430207
     -0.1684826244
     -0.3676387130
     -0.2975350713
      0.5611029004
      0.4864678179
     -0.7486399620
     -0.2026388042
      0.0129113647
      0.6132316330
      0.3643657214
     -0.3693419752
     -0.2874954622
     -1.1895969512
     -0.0107287483
      0.0885308576
     -0.0863372236
     -0.1831988774
      0.4778643467
     -0.3017383445
     -0.2777196661
     -0.7656802864
     -0.2757592065
      1.9940347463
      0.1291026177
      0.0629520186
     -0.7312607812
      0.1062410417
      0.5467213644
      0.3036759841
      0.1907112476
     -0.2657373662
     -0.1717776288
     -0.7720599722
     -0.2653076576
     -0.2935304394
     -2.0201642628
      1.3529204030
     -0.2591346059
     -0.3137695109
      0.0219681672
      0.2829308000
      1.2639664086
     -0.2781352108
      0.0528205053
     -1.5529771553
     -0.2070814970
      2.4090581521
      0.0804517281
     -0.4451321524
     -1.7463309219
      2.7864413310
      0.5304834452
      0.7500540696
     -0.0472107008
      0.2708634810
     -0.7735412257
     -1.2700016947
      0.1454688426
      0.0504712128
     -2.1680623991
      2.4249170512
      0.2450289236
     -0.0961579276
     -0.1645434726
     -0.1762413120
      0.0501379733
     -0.1422126043
     -0.2491006343
     -0.5690187611
      0.0738962999
      2.7310694247
      0.3151421975
      0.1638691648
     -0.4101001270
      0.3020993586
      1.0172537678
     -0.0853385528
     -0.0809609368
     -0.2296529180
     -0.2403790962
     -1.0739399521
     -0.2679171570
     -0.3269800803
     -2.5852679339
      2.6680653190
     -0.3502558216
     -0.4294921453
     -0.0453475112
     -0.0223231955
      0.2729721926
     -0.0098869280
     -0.2014012712
      0.1751534208
      0.3358646304
     -0.3883007898
      0.2731096672
     -0.1547664552
      0.0547755614
      0.3503635052
     -0.2424574972
     -0.0178723752
     -0.1960296276
     -0.1500079668
     -0.1738947734
      0.3396280433
      0.2651305036
      0.3037785913
      0.4188210458
     -0.1205486094
     -0.1919435939
      0.0348327876
     -0.6456889440
      0.1425635397
      0.2197536963
      0.3490772662
      0.3470564386
      0.0232751608
      0.2285856995
      0.4751343715
      0.1382134859
      0.1960034028
      0.1452980894
     -0.3967554122
      0.3854884472
      0.4950118532
     -0.2320406779
     -0.0268603850
      0.1034962525
      0.4950751182
      0.5077854250
      0.1273541391
     -0.0702690000
     -0.1284901520
      0.3609059613
      0.6011996487
      0.2381572970
     -0.4197500932
     -0.1504325257
      0.4239016282
      0.1641224722
      0.0031445253
      0.1268647383
     -0.0808100839
      0.0875390694
     -0.0778491332
      0.3487926619
     -0.4006320075
     -0.0145924788
     -0.1824548258
     -0.2973441568
      0.3433816561
      0.1544336223
      0.0181496986
      0.2561050497
     -0.3355822647
      0.0431771467
     -0.1580886173
      0.3342700393
     -0.0091160196
     -0.0436931911
      0.0903172855
      0.1763566479
     -0.3167609154
      0.2345159459
      0.2244705269
      0.3517761111
      0.1158765497
     -0.1067154095
      0.2592057931
     -0.0270427963
      0.1941011819
      0.2171309789
      0.0882452350
      0.0642955468
     -0.0506898700
     -0.3479079155
      0.1006751783
      0.0168081563
      0.0706223210
      0.1695932468
      0.0773648153
      0.1500604518
      0.0421716335
     -0.1694458188
     -0.0162711422
      0.3735487940
     -0.1052372225
     -0.0595099267
      0.1332846892
      0.0036103189
     -1.2954583569
      0.2127133984
     -0.1330892371
      0.3383531451
     -0.0209432882
      0.0532821058
     -0.2037076260
     -0.1200565485
      0.3048812788
     -0.1081745352
     -0.0515255824
      0.0003702635
     -0.2056362922
      0.4177393910
     -0.1627633214
      0.3086694152
      0.3015299347
     -0.2511994428
     -0.0373309054
     -0.2733279869
     -0.0481866195
      0.3650343714
     -0.3376432311
      0.2239880168
     -0.1512494513
     -0.1708534227
     -0.3198638920
     -0.1433859590
     -0.2305013690
     -0.1075749317
      0.3176543628
      0.0268236703
     -0.0095099690
      0.3174307866
     -0.2595683192
     -0.4722800421
      0.4021234838
     -0.0989835178
     -0.1161534916
     -0.5235700707
      0.3847569595
     -0.4050909915
     -0.1123661918
     -0.4375658119
     -0.1585035270
      0.4114596585
     -0.2302461641
     -0.0386391500
      0.1288819918
      0.0983117494
     -0.0906019396
     -0.4295178176
     -1.3851395381
     -0.0801193248
      0.2341597403
      0.2650626481
      0.3205737947
     -0.3892096569
      0.1046691851
      0.0271243876
      0.0872559905
     -0.7872241586
      0.1560859051
      0.0579066213
      0.2628478066
     -0.1125484752
     -0.2451965897
      0.3124977425
     -0.0230528662
      0.2678428181
      0.1623570345
      0.1200259026
      0.2553468296
     -0.0376132397
      0.2079012198
      0.6025632300
     -0.2622844692
     -0.2630853424
      0.0277142842
      0.3116844471
     -0.0155190267
     -0.1917174884
     -0.0403236962
     -0.3794178518
      0.3696069845
      0.1243624740
     -0.1319889755
      0.1121615410
     -0.1669108062
      0.2727414333
     -0.3199923042
      0.2770524033
     -0.6455369255
      0.2057257925
      0.0503266679
      0.4424578694
     -0.5462692022
      0.5433975387
      0.2238732208
     -0.1277393761
      0.4813743671
     -0.3274107018
     -0.2808265532
      0.3186136108
      0.2043526456
     -0.1319240675
     -0.6524011335
      0.2296202734
      0.0481824121
     -0.3451572172
     -0.2502623584
      0.0055670568
     -0.4611137340
      0.2074993284
     -0.1970383041
     -0.0722016502
      0.1781268645
      0.1232082709
     -0.2152208768
      0.1801718542
      0.2679744774
      0.0182702045
     -0.0295098039
      0.7488259778
     -0.9148192642
      0.3667401724
      0.4313943825
     -0.0420522205
     -0.1915001964
     -0.1230823346
      0.0575011865
      0.1333143390
      0.0651095134
      0.3171460202
      0.9068099087
     -0.3705165404
     -0.1975998617
     -0.4155378435
     -0.2153925799
     -0.5096435030
     -0.0201264741
      0.2110366971
      0.3731932765
      0.1165920466
      0.1770680792
     -0.0206212515
      0.1938948086
     -0.1109164107
      0.3902506728
      0.3864028502
      0.2393926368
      0.1477985177
      0.4487873645
     -0.3544417140
      0.4677188505
      0.0337214830
      0.2420325072
      0.0653052624
      0.4776859519
     -0.0015127446
     -0.6815066678
     -0.1392688500
      0.4800945349
      0.3698223822
     -0.2345812377
      0.2094335356
      0.6462433251
     -0.1083219823
     -0.0305443566
      0.0093633611
      0.0427721514
      0.2812603843
      0.0358194965
     -0.3380387157
     -0.6521144990
     -0.0391841508
      0.0697362552
     -0.2009446661
      0.2261817593
      0.0041024365
      0.0204361327
      0.2020671071
      0.3179738718
      0.1801044196
     -0.1521904036
     -0.3744922534
     -0.1034614257
     -0.3699847589
      0.2715623962
      0.4687800799
     -0.5452758876
      0.4799931244
      0.5124663411
      0.1337350909
      0.0275119272
     -0.0343294785
      0.5919233320
     -0.1532683348
      0.3878833849
     -0.1110551624
      0.2653654195
      0.5302790589
      0.7171114079
     -0.0199716720
      0.3838493260
     -0.6015288913
      0.6013649031
      0.4463263566
     -0.3643883260
     -0.5439345736
     -0.1384311620
      0.0962082385
      0.1296008050
      0.0953382932
     -0.2876373478
      0.0607164676
     -0.0436940434
      0.0372914818
      0.1086691840
     -0.2535085463
      0.1053537299
      0.1190160525
      0.5108256846
      0.1993933447
      0.1279589992
     -0.1826365230
      0.2116438054
     -0.3774610320
      0.3738305541
     -0.1457412290
      0.0420736772
      0.4442442975
      0.3308325337
      0.2888135086
      0.0715266665
      0.3946320941
      0.1536690858
      0.1357160377
     -0.1035268277
      0.3491524443
      0.0671131745
     -0.2414939854
     -0.0053543704
      0.0998266375
     -0.0933724645
      0.1697016880
     -0.3119318904
     -0.4227552358
      0.1358630536
     -0.2210016347
     -0.0034489853
     -0.0274845959
     -0.2664862640
     -0.0679997047
     -0.1105671950
     -0.3132032062
      0.0319462413
     -0.4354463733
     -0.2468211619
      0.1738534842
     -0.1234346997
     -0.0552892251
     -0.0005072137
     -0.1782003293
     -0.2889905946
      0.5850445240
      0.0134137279
     -0.1663141547
      0.0003082232
     -0.2167698059
      0.0469289374
      0.3880063211
     -0.1411939481
      0.4618572010
      0.2810433802
      0.1268224308
      0.5648187072
      0.2304936893
     -0.1618956121
     -0.4712736644
      0.0297229983
      0.1730266870
     -0.0787370247
      0.0481800112
      0.4453053301
     -0.0131989615
      0.0104928480
     -0.1067718324
      0.1321790819
     -0.0603051286
     -0.2140796651
     -0.0063540798
     -0.6887817755
      0.5506421106
      0.3898270137
      0.1757175236
     -0.1778893873
      0.0789132175
      0.2174718342
      0.1690413890
     -0.0937580009
     -0.0434205422
     -0.1335106558
      0.2199666185
     -0.8970211517
      0.2167143685
      0.2904820392
     -0.2734563693
     -0.5534543684
     -0.0909078234
      0.1275236770
     -0.6532278020
     -0.8432155910
      0.2880026792
     -0.0058710382
     -0.6429034715
      1.0089175230
      0.4212667553
     -0.5534596113
      1.3559871575
     -0.0869226174
      0.0436155217
     -0.7058577626
      0.5394546935
     -0.0712225941
     -0.2517968242
     -0.3327508464
      0.1460911022
     -1.1051440793
     -0.0982606037
      0.6537760093
      0.6087372125
     -0.6403399715
      0.2521514560
      0.2676046372
     -0.0029319845
     -0.0532552101
      0.2945668045
      0.3525887631
      0.7855668314
      0.3062512661
      0.3689287789
      0.3053655619
      0.0215084570
      0.0573791764
      0.1208748892
      0.2920289359
     -0.0268296639
      0.0677480362
      0.3630324495
      0.2054380260
      0.5326756919
     -0.9290466942
     -0.4322808106
     -0.4916273898
      0.0268715693
      0.2193909289
     -0.1859136895
     -0.3450230457
     -0.2877523996
     -0.4901922196
      0.1400871216
      0.0141303717
      0.0520203804
      0.2790874981
      0.1722858103
      0.2894322223
      0.3133011929
      0.1434465361
     -0.1417914081
     -0.2141244454
      0.0198143606
     -0.2122493818
     -0.1361162375
     -0.1488735497
      0.1478388047
     -0.6801703271
     -0.0165854361
      0.0697745446
     -0.0462753400
     -0.0189732475
      0.0040351843
     -0.0058949287
     -0.1886046079
      0.1421105193
     -0.1203386347
     -0.5548439236
      0.0820986440
      0.0747528843
      0.0428312582
      0.0981062908
      0.2077574695
      0.1656697759
      0.0674533844
     -0.1109702251
     -0.0190355514
     -0.0903919461
      0.0431816740
     -0.0592097083
      0.3421536610
      0.1280651251
     -0.0106645979
     -0.0854395658
     -0.3286897808
      0.0844261023
     -0.0050023928
      0.2483700673
      0.2348845396
      0.1610858931
      0.2866701716
     -0.1201656800
     -0.5168505172
     -0.3155779349
     -0.3015724736
      0.0886883274
      0.3280360885
      0.0969183890
     -0.1133564110
      0.1590336680
     -0.2184489458
      0.5084101909
     -0.4997975679
     -0.5100284978
     -0.0734297751
     -1.0968547907
     -0.4328372604
     -0.1490005045
      0.1531382146
      0.0213504926
      0.1164932450
     -0.4243822512
      0.5908873668
      0.8190914384
     -0.4112185579
      0.1232242641
      0.0573352987
     -0.0091108404
     -0.1127212360
      0.0880229922
      0.1071381609
      0.0750157604
     -0.1422816199
      0.0409031354
     -0.6455654500
     -0.0316076711
     -0.4607762034
     -0.0113336495
     -0.0710939665
      0.1796718422
     -0.2112916399
     -0.0765589163
      0.2420394388
      0.2119371227
      0.3357165445
      0.1029157215
      0.1746128987
     -0.1809690840
      0.0462467728
     -0.0488454777
      0.3652604108
      0.4477925197
     -0.2396756635
      0.0231257486
      0.1416493218
      0.1773019108
     -0.1553214901
     -0.0046898408
     -0.2871255514
      0.0839460544
      0.5585810528
     -0.1366298659
     -0.1718346249
      0.0647229927
     -0.1198384988
     -0.0561077971
      0.1090031474
      0.1358656952
      0.2083865466
      0.0644499273
     -0.2398874657
     -0.4638247036
      0.2220020524
     -0.2385225003
      0.2556278584
      0.1411452043
     -0.0019730053
     -0.3584440236
     -0.3000245684
     -0.0977753185
      0.0311653498
     -0.0295965121
      0.1423713484
      0.1607496288
      0.2784488454
     -0.5189828195
     -0.0648718810
      0.0238347817
     -0.2829226135
      0.1222236464
     -0.0127641608
     -0.1404611483
      0.1240712900
     -0.1830635721
      0.2784204886
     -0.2002360350
     -0.1407803872
      0.0681384363
      0.0768127026
      0.2484600049
     -0.1392562024
      0.1055297263
     -0.2037339333
      0.0750619522
      0.2723046381
     -0.1514757780
     -0.0723695264
      0.0886956819
      0.1921688654
     -0.1012041329
     -0.0843096818
      0.1226463555
      0.1136301432
      0.1842573212
      0.2985472483
      0.2084970467
      0.2604646246
     -0.0495651016
      0.1050211781
     -0.3914115521
     -0.0810571277
      0.0480106558
      0.1990709534
     -0.2199307616
      0.0338174925
     -0.0817614371
      0.0663766162
      0.1806625741
     -0.2252901820
      0.0859219938
     -0.0069746003
      0.2118334623
      0.1404218664
     -1.2138246156
     -0.1547668779
     -0.0047168896
     -0.2466783362
      0.1876638984
      0.2299995758
     -0.0068961403
     -0.0010658076
      0.2543086324
      0.1772357969
      0.5298942422
     -0.0663803659
     -0.2190551761
      0.0634037846
     -0.2654244819
     -0.0863621353
     -0.1188124731
      0.3056738020
     -0.2645896960
      0.1577471883
      0.0871284711
      0.0628218915
      0.2855361488
      0.0186697306
      0.1358586909
      0.1229592094
      0.2150523794
      0.0174122220
      0.2130271437
     -0.2423061310
      0.0243987453
     -0.1947992514
     -0.2609702908
     -0.1029573474
     -0.2378276828
      0.2088938723
     -0.0050240437
     -0.1128935708
     -0.1792845052
      0.0782424315
      0.1189454144
     -0.2672713623
     -0.2163391212
     -0.3057326475
      0.2658243869
     -0.0866169294
     -0.1795320117
      0.3179638750
      0.2346122483
     -0.2455426413
     -0.2929993213
      0.3040256704
     -0.2469089996
      0.1797850717
     -0.1800274391
      0.0189942480
      0.1049750595
     -0.3056593538
     -0.4202649350
      0.2605582841
     -0.2810795211
      0.0550060884
     -0.3062525924
      0.2040816149
      0.1619109312
      0.1520528632
     -0.2048689048
     -0.0439480067
      0.2648808177
     -0.1631664878
     -0.2219742239
      0.1101179058
      0.1881089562
      0.1113924823
      0.0548649721
     -0.1934650180
     -0.1105178766
     -0.3696576298
      0.2477934936
     -0.1636908079
      0.1454059307
      0.2226142345
      0.3208033199
     -0.0417845595
      0.1568834416
      0.0373468844
      0.0603469476
      0.3000102706
      0.1837754473
     -0.1801311060
     -0.1888547969
     -0.2317917690
      0.0420296695
     -0.1236098314
     -0.0121458181
     -0.4862326096
     -0.4591438630
      0.0037737637
     -0.1869718735
      0.1080359406
      0.1166989739
     -0.0481089982
      0.0906074713
      0.2618319681
     -0.1567932928
     -0.0859821134
      0.4645597544
     -0.2816004430
      0.1952841377
     -0.0043227033
      0.2721321733
     -0.1180724069
     -0.2790701305
     -0.0410884996
     -0.1084978269
      0.1498423831
     -0.2276350925
     -0.2498447451
     -0.0913501350
     -0.0002611367
     -0.0149321865
      0.1737634573
     -0.0802514287
      0.1910922478
     -0.0818191915
      0.0240645983
      0.0683660276
     -0.0830710690
     -0.3135117404
      0.0399286330
     -0.6815065803
     -0.1943774422
      0.3829015495
     -0.3360859697
     -0.0678749329
     -0.0251383142
      0.2828329883
     -0.0783282651
     -0.1837332783
     -0.1388897577
      0.5505485946
      0.3809330103
     -0.1910030580
      0.0948279935
     -0.5174100759
     -0.3194092134
     -0.0489786041
     -0.0114611762
     -0.1116307910
     -0.0633377605
      0.1495498192
     -0.2871615961
     -0.1991374117
     -0.1376469384
     -0.4751941357
     -0.1566632702
     -0.3293431205
     -0.1923094088
     -0.0125683659
     -0.0586728007
     -0.1204271913
      0.2735046675
     -0.2581887381
      0.0013945325
     -0.2284457185
      0.0689288097
      0.0409535412
      0.4418085591
     -0.3175795173
     -0.2172956701
     -0.2240165227
      0.2509968106
      0.1253082196
      0.1748137474
      0.1188692062
      0.1080950747
     -0.1785727160
      0.1729220158
     -0.4713091819
     -0.0423502593
      0.3285607669
     -0.0079662878
     -0.3358925287
     -0.4103332893
      0.2968663372
      0.0133513291
     -0.0871043683
     -0.1296681938
     -0.2233388910
     -0.0968074723
     -0.0569332590
      0.1787446773
     -0.1412714547
     -0.2412127172
     -0.2024295831
     -0.1464007467
     -0.2720546193
     -0.1239338601
      0.0222902190
      0.1868094832
     -0.1316786490
      0.2090895435
     -0.1266336700
     -0.0525689902
      0.2397816068
      0.2450975259
      0.1497815150
     -0.0904755175
     -0.2796180319
     -0.1416810443
     -0.2395325247
     -0.2622110478
      0.0995655163
      0.2198068987
     -0.1879599236
     -0.2229230543
      0.1449839120
      0.0950430643
     -0.1768956984
      0.1941121790
     -0.0176798344
     -0.2264515295
      0.4613866809
      0.1979426009
      0.0352876399
      0.2213465799
     -0.1723383840
     -0.4086159760
      0.0344923414
     -0.0223254737
      0.2300617234
      0.1271848355
      0.0684673896
     -0.0681252568
     -0.0894536696
     -0.2265763778
      0.1747950960
      0.1008256388
      0.2317945994
     -0.3413995162
     -0.7873050160
     -0.0768061674
      0.0919241666
     -0.2059822234
      0.0310607839
      0.1568517183
     -0.0112522932
      0.0370328413
      0.3599868003
      0.1679705101
      0.2740097453
      0.1959960472
      0.1966848856
      0.1301486941
      0.2869590765
      0.5093671876
     -0.0813952297
      0.1785148084
     -0.1845712501
     -0.2346558864
      0.2266095779
     -0.2354351083
      0.2206929082
     -0.3892616733
     -0.2555676816
      0.2898320655
      0.3004535016
     -0.0472792830
     -0.4096926521
     -0.2573407495
     -0.3430713755
     -0.2300523243
     -0.4396704270
     -0.0823273719
      0.2382891662
     -0.2940366354
      0.3360229560
     -0.9798097262
     -0.3442754108
     -0.1849312541
     -0.2014158702
     -0.2400593117
      0.2764346431
      0.1499981120
     -0.5483272595
      0.2145111512
      0.1635919369
     -0.5060025457
     -0.4220378389
      0.0114307645
      0.2035566777
     -0.0978818984
     -0.6578245583
     -0.4042620256
      0.4042460544
      0.2110780372
     -0.3047723498
      0.1813903164
      0.2590522643
      0.2244966709
     -0.0161393890
     -0.0979793755
      0.6091383503
     -0.0999289385
      0.1954189945
      0.3674128890
      0.0215726092
      0.0978167566
     -0.0097412903
     -0.1707710409
      0.1375232948
      0.0861550427
     -0.0292236563
     -0.2996252675
     -0.3750571181
      0.2292405814
     -0.2987290231
     -0.1507352538
      0.0990887107
     -0.2588514016
      0.3702532289
     -0.2308255806
     -0.4994608128
     -0.4039424025
     -0.0301668098
      0.2803226506
      0.3885232249
     -0.4429810117
     -0.2552556509
      0.1452619837
      0.0463620652
      0.1365359551
     -0.2487210266
      0.0258481885
     -0.1639802420
      0.1789373302
      0.4537938013
     -0.2550686697
     -0.0715485288
     -0.0525927209
     -0.1558873338
     -0.2530259220
      0.0277280599
     -0.0385059459
     -0.0810506208
     -0.1744621103
      0.3029755524
     -0.1299341739
      0.1418057747
     -0.1416745439
     -0.2341535536
      0.2351646284
     -0.0470185228
      0.2561559968
     -0.2332220038
     -0.1701997821
      0.1046236331
     -0.2172551264
     -0.1296196677
     -0.0742615346
     -0.2727314422
     -0.1119690412
      0.1815710790
     -0.1228681292
      0.3153551839
     -0.3184242073
     -0.2705353478
     -0.2685002595
     -0.0113589152
      0.0730642654
     -0.1968545457
      0.0126509435
      0.2153255341
      0.1244669291
     -0.0571766375
     -0.3366017121
      0.0556078877
      0.1259055577
     -0.0556572837
     -0.2527063600
     -0.1769987971
      0.0176084831
     -0.3108194090
      0.1658880477
     -0.1298675623
     -0.0929038484
      0.2440825976
     -0.2185776936
     -0.2294843446
     -0.2150305487
     -0.3330835378
      0.1394753696
      0.0681032955
      0.1052451112
      0.0212096391
      0.0978003988
      0.0529310351
      0.1141771668
     -0.0842921654
     -0.0981116192
      0.1876599487
      0.0271145900
     -0.0475696147
      0.1134126060
     -0.2676913112
      0.2869171560
     -0.1856538131
     -0.2832608430
      0.0710134068
      0.0834877650
      0.2196262421
     -0.1833782594
     -0.3519936908
     -0.2704452215
     -0.1012342058
     -0.2494108875
     -0.3937472767
      0.2988006175
      0.6655989689
     -0.2268970743
     -0.0776448666
      0.0331873130
      0.1685718604
     -0.2241733026
     -0.0283676699
      0.1118388632
      0.1989592524
     -0.0684689661
      0.2070271179
      0.0481994566
      0.3531249847
     -0.1351076227
     -0.2431811769
     -0.1202720152
      0.1271041129
      0.0724670380
     -0.2332714926
     -0.0575007400
      0.4095745224
      0.2168377549
     -0.2321289523
      0.0013420679
      0.3504864030
     -0.1491524446
      0.3122838802
     -0.2300262127
     -0.0718835277
     -0.1074992332
      0.0965103399
      0.2510013833
      0.0302253591
     -0.0155517862
     -0.1384396584
      0.2195433354
     -0.0712531712
     -0.0657651542
      0.0728271060
      0.2051996079
      0.0969954343
      0.3290658484
      0.1904478963
      0.1232985318
      0.0156254958
      0.2349726049
      0.3819674671
     -0.2167668289
     -0.3148228360
     -0.2152861125
      0.2188183110
      0.1207448728
     -0.2367558476
      0.0971619907
     -0.1538788711
     -0.2012683163
      0.2636585141
     -0.3062964291
      0.0094400122
      0.0509009955
      0.0023739584
     -0.1313001624
     -0.2786144727
      0.2175939469
      0.0957174943
     -0.0336676278
     -0.0332099378
     -0.4059407066
     -0.0588341600
      0.1579507324
     -0.0819172070
      0.0101856036
      0.0831896492
      0.2628819814
      0.4479772640
     -0.1975426944
     -0.1941992597
     -0.0870012545
     -0.2508496011
     -0.0404524520
      0.0394051115
      0.1256485167
     -0.1428664632
     -0.1666805230
     -0.0930733517
      0.1216062452
     -0.0629325242
      0.3231243596
     -0.2050068178
     -0.1546283967
     -0.0639146078
     -0.7086462048
      0.0880046195
     -0.1828683599
     -0.1222796576
     -0.1907228227
      0.1581756507
      0.0924584377
      0.3011968555
     -0.3894489187
      0.3874529230
     -0.3243641833
      0.2219648508
     -0.1103001655
      0.1451574390
      0.0361997110
      0.2645737838
     -0.2778605396
      0.1860374655
      0.1253793154
     -0.8201936609
      0.2591714700
     -0.1860326684
     -0.0172779528
      0.2128309756
      0.1589167149
     -0.0540292898
      0.1780146776
      0.1549352368
     -0.0604348433
      0.1630105807
      0.1519331181
     -0.0697151641
     -0.1358231285
      0.2697041777
     -0.2324343804
     -0.0413942588
     -0.2948389398
     -0.1753876513
      0.2982482788
      0.1632027474
     -0.2992465164
      0.2071534613
      0.2766540792
      0.2236206231
     -0.1501852985
     -0.2358154903
     -0.2746735420
     -0.2437032005
      0.0335583227
     -0.1569093634
     -0.1114860519
      0.3293344561
      0.0862635075
     -0.3816661204
     -0.0553525251
      0.0095553584
      0.0919636386
     -0.1409510241
      0.2278698847
     -0.1830964839
      0.1715121391
      0.2981951029
     -0.2861147701
      0.1138091576
     -0.1415770426
     -0.2791630258
      0.0737040159
      0.0672290427
     -0.0793772269
      0.2425417221
      0.1895621145
     -0.1137283854
      0.0636018517
     -0.1912610580
      0.0787207301
      0.2612071200
      0.2110091120
      0.2612705981
     -0.2804229506
      0.3032116131
     -0.1300204856
      0.0215037453
      0.0700928063
      0.1304748491
     -0.2798133845
      0.1271930915
      0.2504926844
     -0.2470052116
     -0.0799454892
      0.2216393079
      0.0548652607
      0.0238979437
      0.0049449526
      0.2347833980
      0.1570823828
      0.3190098303
      0.0474936559
     -0.3824756026
     -0.2072671560
      0.2376406860
     -0.1068267897
      0.1717230588
     -0.0465878323
      0.2444050861
      0.0671683532
     -0.2459259430
      0.2779859071
      0.1944711725
     -0.3101674957
      0.2963385520
     -0.2903201012
      0.2250197082
     -0.2674832611
      0.1249388495
     -0.4022169644
     -0.0448084921
      0.0332988375
      0.1134916818
      0.2252800982
     -0.3120501740
     -0.1620081594
      0.1050129487
     -0.2049856069
     -0.5969533054
      0.1337245809
      1.0006087756
      0.1562275961
     -0.1008699433
     -0.1717361403
      0.1068167801
      0.2724464053
      0.2932866179
     -0.0652236271
      0.2624113448
      0.0454668490
      0.1147014526
     -0.2023802723
     -0.0307712138
     -0.8555579546
      0.1908734303
      0.2093837448
     -0.0040091483
     -0.0319937193
      0.2867202449
      0.1839039670
     -0.1457903020
     -0.1032364785
      0.1447314012
     -0.1504057061
      0.0232411006
      0.1773708585
     -0.0540332775
      0.1888491375
     -0.2326664224
     -0.3077020291
     -0.0612924380
     -0.0648577268
      0.0579622667
      0.2852389391
      0.3595778994
      0.0475180437
     -0.0550914947
      0.1142984535
     -0.1909036823
      0.1404226489
     -0.1949049684
      0.1344050212
      0.2334279324
      0.3026226512
      0.1794567976
     -0.1413579018
     -0.1415095436
      0.2405351653
      0.1587330771
     -0.2062420228
      0.1005244520
     -0.2351018453
      0.2998583846
      0.1214916456
      0.0716502692
     -0.3040278472
      0.1450409569
     -0.1430036783
     -0.1317043169
      0.0683371931
     -0.2384063374
      0.2908905787
      0.3673861300
     -0.0680705267
     -0.2639028823
     -0.9051042819
     -0.0769255330
     -0.0058971561
      0.6597532493
      1.2217172479
      0.2138711681
      0.1719289811
     -0.0128161576
     -0.3345418975
     -0.8377104253
     -1.0491448280
      0.3138509218
      0.7094200203
      0.2103252960
      0.7103157726
      0.7943311076
     -0.9876497460
      0.6206835444
     -1.6701729717
      1.3017781630
      0.1718167699
     -0.1156400630
      1.7181479244
     -0.7909438511
     -0.2795078999
     -0.3132621006
      0.0411761129
     -0.2060255759
     -0.0735142989
      0.2564264036
      0.3950154617
      0.0043166230
      0.6705878088
      0.1029445227
     -0.7144334310
     -0.2078203772
     -0.1118857395
      0.4734249734
      0.0562864222
     -0.1594269902
      0.2490854134
     -0.4056415129
     -0.0228807959
      0.0568078242
     -0.0743156334
     -0.0835052977
     -0.2889125284
     -0.0777821455
      0.1235338543
      0.2234926886
     -0.4083879926
      0.5959238435
      0.2277575935
      0.0032140309
     -0.1502920690
      0.5861010234
     -0.2092833507
      0.1366211341
     -0.2927399080
     -0.1900696799
      0.1820875158
     -0.6144715719
      0.1866194574
      0.4934790004
     -0.5074169800
     -0.2474598920
     -0.8647269642
     -0.4518440756
      0.5758405214
     -0.4989064825
     -0.3713328945
     -0.1112080157
     -0.8246251916
      0.4581212467
     -0.4333575263
      0.7770781287
     -0.0161353474
      0.1812076920
      0.4588643555
      0.4992071440
     -0.2957872191
     -0.2339778199
      0.3664298049
      0.1401304257
     -0.5674001229
     -0.6310578589
      0.5671598819
      0.0927028734
     -0.4971047409
     -0.1203370680
      0.0883802458
     -0.1505954751
     -0.3158243881
     -0.1267380685
      0.0410077639
     -0.0126949910
     -1.0477386195
     -0.1141184220
      0.2322609694
     -0.1351032394
      0.1480526660
     -0.3529153360
      0.2668471406
     -0.6007597999
     -0.1468686456
     -0.3275736409
      0.5595684736
      0.1337799630
      0.1878386279
      0.2819563175
     -0.3904450046
      0.4912612033
     -0.3095762066
     -0.1973222382
     -0.2478731337
     -0.0545156477
     -0.3771303866
      0.4797374634
      0.1859430084
     -0.1616366447
      0.2491445860
     -0.1613300262
     -0.1534174574
     -0.0039209279
      0.3059533166
      0.1702229061
      0.3370432876
      0.0254567295
      0.4531825623
      0.3278823281
      0.6351694717
     -0.0019250779
      0.3784689548
      0.3255603272
     -0.0740058494
      0.3799651788
      0.2504079240
      0.2460798438
      0.5019911011
     -0.2142983177
     -0.3792179764
     -0.3620130821
     -0.3836601695
      0.1091951209
     -0.1844319849
     -0.1041111473
      0.4074015153
     -0.6837661926
     -0.0019833556
      0.4737070374
      0.5282383307
     -0.7202030932
      0.3801948140
      0.2436234325
     -0.0127563140
      0.6090556797
     -0.8226417752
      0.6472386984
     -0.3725858105
      0.3195647279
     -0.4413406226
     -0.5571762849
     -0.6863454882
     -0.0379273990
      0.1301385691
     -0.4110747783
      0.1963889234
      0.5975495891
      0.2604501390
     -0.0741217035
     -0.4363622828
     -0.3057740560
     -0.6629215595
     -0.3904001928
     -0.3193465934
      0.2324735646
     -0.1311831654
      0.3569860024
     -0.2901315494
     -0.2283394476
      0.6119265338
     -0.3616467926
     -0.9509255664
      0.3587213341
     -0.1541735937
      0.3198359016
     -0.2308319627
      0.1244253599
     -0.1602824305
      0.1221702829
      0.1411936573
      0.2494643328
      0.4144248823
     -0.2049739685
      0.0083326690
     -0.1377358323
      0.1891389772
     -0.4222230039
     -0.3351343270
     -0.4020858553
      0.0893233020
      0.1918690135
     -1.3661797975
     -0.2920716964
      0.1636153371
     -0.7522652557
      0.3671890247
     -0.4652282455
     -0.0127967561
      0.6625725410
      0.1445612371
      0.1563994131
      0.4221212445
     -0.1049512076
      0.2285732617
      0.2418016432
     -0.4308570341
     -0.3918822859
     -0.1544126565
     -0.1254297664
     -0.4328753772
     -0.0187237909
      0.2007946809
      0.0349505072
      0.5047278389
      0.6919530598
      0.4348863494
      0.3640429657
     -0.3656036489
      0.2713082134
     -0.4890734589
     -0.2198386614
      0.4637058253
     -0.3558870246
     -0.0460642630
     -0.2335867317
      0.1109530322
     -0.1214615956
      0.8629260452
     -0.3715477515
      0.1721171278
     -0.0741048910
      0.4918422621
     -0.6357659218
      0.3224324598
      0.9914910057
     -0.3555589430
      0.4991662885
      0.1634613555
      0.3553779599
      0.4240518013
     -0.1942769997
     -0.5893840489
      0.0988033239
      0.0681740745
     -0.4896908696
     -0.3916647308
     -0.0216073713
     -0.4404739341
     -0.1947029232
     -0.4013799943
     -0.2919030156
     -0.0929678132
     -0.3847175905
     -1.1378884844
     -0.6763437610
     -0.0452220199
      0.2277587431
      0.3527852738
     -0.2253266431
      0.1707058733
     -0.0106830815
      0.9081763199
      0.2013389657
     -0.4837914375
      0.5464636669
     -0.6979685949
      0.7960483234
     -0.3449649959
      0.2297992085
     -0.1626018109
     -0.5738478388
     -0.0502956881
      0.1495559308
      0.2712823536
     -0.1263793115
      0.8308763065
     -0.1485724012
      0.2501004511
      0.7779138920
      0.2128767927
     -0.3126598199
      0.7111021793
     -0.2986196989
      0.5464288665
      0.6139516374
     -0.1891527452
     -0.7038621564
      0.3525608719
      0.0067317357
     -0.3785555035
      0.0159739290
     -0.7479928069
     -0.0069819002
     -1.8667110352
     -0.1274079997
     -0.1789920069
      0.0576312471
     -0.1873499899
      0.0517249366
     -0.8033117399
     -0.1383278208
     -0.4939344941
     -0.2077647820
     -0.3410584756
     -0.6769632733
      1.1279233499
      0.5402892989
      0.4151990141
      0.5462499329
      0.2297834498
      0.5672756829
     -0.5784556755
     -0.3971865909
     -0.2925402084
     -0.3840365925
     -0.1885681713
      0.3020612609
      0.1671625457
     -0.1089530332
     -0.2529975398
      0.8429340132
      0.3519553552
     -0.6254544927
      0.5058277355
      0.6510013985
      0.8610975361
     -0.4671296514
      0.1832372198
     -0.0148141776
     -0.4980466842
     -0.1719033931
      0.3278097657
      0.0448633863
     -0.5850241535
     -0.5284748980
      0.4062574413
     -0.9597812214
      0.3966628278
     -0.0918840930
     -0.5477926108
      0.7404441421
     -0.4323024156
     -0.7572337678
      0.5991842300
      0.1284973273
      0.6408116071
     -0.0383510467
     -0.2244230273
     -0.0516064217
      0.3223964473
     -0.2382598547
     -0.1303496884
     -0.1041604230
     -0.6485051670
      0.7275780997
     -1.1045769877
      0.1750458143
      0.0313638521
     -0.2206140873
      0.3832289122
     -0.2032385540
     -0.0284182928
     -0.0787639112
      0.1109844859
     -0.1875486428
     -0.0550057590
     -0.7862386081
      0.0840229003
     -0.3447192551
      0.1667235277
     -0.0696688862
     -0.5742834531
     -0.2062370415
     -0.2308857945
     -0.0366999423
     -0.4462387486
     -0.2896664424
     -0.6561763493
     -0.4419191296
      0.5055962966
     -0.1861464791
     -0.2479150165
     -0.2216787220
      0.3271778311
     -0.0738096787
     -0.1660393775
     -0.1192874856
     -0.2161751383
      0.2247744008
     -0.1468852549
     -0.0789289840
      0.4724144610
     -0.0733697136
      0.0429072304
      0.3584833595
     -0.4204566831
      0.2236377600
      0.1693637957
      0.1350238606
     -0.4641548094
      0.3069190779
     -0.9444792870
     -0.0665223399
      0.0376552449
      0.3591657564
      0.4696622329
     -0.2866562522
     -0.0794516565
      0.6874464779
     -0.2953711894
      0.6088382949
     -0.3058631075
      0.3775711042
     -0.0242554748
     -0.0530415126
      0.6096371338
     -0.7014029651
      0.4141678301
     -1.0515781641
     -0.5524165573
     -0.2495738483
      0.1304464892
      0.2934731904
     -0.3265278977
      0.6766649477
      0.5537318120
      0.5533115274
     -0.5435312331
      0.4779556626
     -0.2613531478
      0.7865104097
      1.4770385655
      0.2593026874
      0.1820668233
      0.4236302594
      0.3201843929
      0.6163564264
      0.1371968551
      0.6314258842
     -0.3741779351
      0.5159142420
     -0.1695183157
      0.3385276736
      0.2039021678
     -0.4073563071
      0.3076098779
      0.5005110860
      0.3303670149
     -0.1083623467
      0.2470294910
      0.0954972708
     -0.2853169160
      0.8176835530
     -0.0322571618
     -0.6744270771
      0.5902650572
      0.1527799387
      0.4045161089
     -0.1503816572
      0.0292329858
     -0.1384967187
     -0.2689514874
      0.4028390888
     -0.0919791516
      0.0935821553
     -0.1836095052
     -0.0427786532
     -0.0232032647
     -0.7479044789
      0.4004583706
      0.4997535314
     -0.2149082927
      0.0828887387
      0.1832264458
      0.3868713722
     -0.7378307772
     -0.1353338049
      0.1164056155
     -0.4004207370
      0.2156431354
      0.1680113811
      0.0660158004
      0.7807150990
     -0.0523620405
     -0.1147347558
     -0.0053380300
      0.1115849808
     -0.0356186424
      0.4443151332
     -0.0225755958
      0.1636959307
     -0.1052599144
     -0.1462530875
     -0.1568914361
      0.1741701044
     -0.3436908136
      0.6194271251
     -0.4858877302
     -0.4591990369
      0.0046875865
     -0.5827107806
      0.2638896367
      0.4736292312
     -0.1648051240
      0.7084235929
      0.4196856154
      0.3778087211
      0.6069844699
      0.5247560477
      0.3936489601
     -0.1283957280
      0.5801548309
     -0.2388823094
     -0.2968754416
     -0.7384168769
      0.3662849282
      0.5674321864
      0.1466240000
      0.0144815977
     -0.4806823331
     -0.2114184229
      1.1056439402
      0.0920972163
     -0.2919467349
     -0.0497495747
     -0.8594141992
     -0.2811952893
     -1.5847701848
     -0.9061814158
     -0.5869761800
      0.2129202363
      0.3518277797
     -0.0292700777
     -0.1204963917
     -0.0296934855
      0.1806181798
      0.3539888170
      0.7675445076
      0.8552010885
     -0.6758051891
      0.2824583727
     -0.0627174391
      0.6033627345
     -0.6067246957
     -0.3625831701
     -0.2946160858
      0.0355074142
     -0.1557607217
     -0.3749893597
     -0.1627185662
      0.4476382148
     -0.0062490305
      0.4078841204
     -0.2156134132
     -0.1673553663
      0.2378152380
      0.4249808311
     -0.3836128494
      0.5237354307
     -0.2540272579
     -0.3656181195
      0.1118446255
     -0.8252457916
     -0.5023004456
     -0.0138656003
     -0.2090729337
     -0.3252756349
      0.0845531354
     -0.4323150165
      0.3525139814
      0.1967429380
      0.1780129705
      0.1669176961
     -0.0085419064
     -0.0305154023
      0.8147749319
      0.5418353728
     -0.4665851599
      0.1808434179
      0.0718819083
     -0.3379519362
      0.2045678569
     -0.1654515302
     -0.4675620714
     -0.4610565506
      0.1369484903
     -0.5628563909
      0.4086132852
      0.3945991216
      0.6480274075
     -0.1447588440
     -1.0083890877
      0.3894865152
     -0.4044478797
     -0.7974170418
     -0.0458978343
     -0.5245237941
      0.7892794094
      0.4781016746
      1.2263572256
     -0.2015057943
      0.5973071777
      0.5839821446
     -0.8089085370
     -0.4986408859
     -1.1722115747
     -1.6551875043
      1.0067842911
     -0.8746605599
      0.2181968821
      0.1795244027
      1.4693911095
     -0.0175128155
     -0.0749495170
      0.3000824833
     -0.8197197586
     -0.3791382576
     -0.0631281941
     -0.1844096674
     -0.2972036377
      0.2115848548
     -0.0757042545
     -0.1413191926
     -0.5647929137
     -0.2464539234
      0.0162856168
     -0.1242769443
     -0.1053361398
     -0.7003646052
     -0.5633198517
     -0.0975867907
      0.0150629584
      0.0169926219
      0.0585023443
      0.3911791001
      0.1622344364
      0.0565661747
     -0.0828668503
