################################################################################
# Neural network connection values (weights and biases).
################################################################################
# Col  Name       Description
################################################################################
# 1    connection Neural network connection value.
# 2    t          Connection type (a = weight, b = bias).
# 3    index      Index enumerating weights.
# 4    l_s        Starting point layer (end point layer for biases).
# 5    n_s        Starting point neuron in starting layer (end point neuron for biases).
# 6    l_e        End point layer.
# 7    n_e        End point neuron in end layer.
################################################################################
#                      1 2         3     4     5     6     7
#             connection t     index   l_s   n_s   l_e   n_e
############################################################
  1.9447654269643906E+00 a         1     0     1     1     1
 -2.4358335015541890E+00 a         2     0     1     1     2
 -4.2020534222754891E-01 a         3     0     1     1     3
 -2.4306261792260759E+00 a         4     0     1     1     4
  1.0768459987070056E+00 a         5     0     1     1     5
  5.6186594513108972E+00 a         6     0     1     1     6
  5.7883915477778398E+00 a         7     0     1     1     7
 -2.6062176099121812E+00 a         8     0     1     1     8
  1.5019573272076578E+00 a         9     0     1     1     9
 -1.8613822315254946E+00 a        10     0     1     1    10
 -1.2558413246063165E+00 a        11     0     1     1    11
  3.5245974444371528E+00 a        12     0     1     1    12
 -1.9441865352875705E+00 a        13     0     1     1    13
  2.7052496112072668E+00 a        14     0     1     1    14
  5.0841715014906290E+00 a        15     0     1     1    15
  3.7669081549961012E+00 a        16     0     1     1    16
  3.3881850993787368E+00 a        17     0     1     1    17
  4.0425041384774580E+00 a        18     0     1     1    18
 -7.3014510028169033E+00 a        19     0     2     1     1
  1.1595763718038217E+01 a        20     0     2     1     2
  1.3845455976789896E+01 a        21     0     2     1     3
  3.4400235291798986E+00 a        22     0     2     1     4
  1.0413576795157308E+01 a        23     0     2     1     5
  1.7958538047449363E+01 a        24     0     2     1     6
  3.0924484505134511E+00 a        25     0     2     1     7
  1.3918104753462410E+01 a        26     0     2     1     8
  1.6565830826534240E+00 a        27     0     2     1     9
  1.4370740236862135E+01 a        28     0     2     1    10
 -5.0524692124869680E-02 a        29     0     2     1    11
  5.5425953250735196E+00 a        30     0     2     1    12
  2.2789965837290689E+00 a        31     0     2     1    13
 -4.8305334409605853E+00 a        32     0     2     1    14
 -4.5503282088374917E+00 a        33     0     2     1    15
  4.8280614697731933E-01 a        34     0     2     1    16
  1.0945175630820122E+01 a        35     0     2     1    17
  1.7695018269499055E+01 a        36     0     2     1    18
  9.4918798879942656E+00 a        37     0     3     1     1
 -8.6483794948395403E+00 a        38     0     3     1     2
  1.6070149616571499E+01 a        39     0     3     1     3
 -6.2629578313327530E+00 a        40     0     3     1     4
 -4.3170695579398036E+01 a        41     0     3     1     5
 -2.0996079026092627E+00 a        42     0     3     1     6
  7.4487419930940906E+00 a        43     0     3     1     7
  1.9744849487924473E+01 a        44     0     3     1     8
 -1.1116972634551963E+01 a        45     0     3     1     9
  1.8066414725543357E+01 a        46     0     3     1    10
  1.7494792783871191E+01 a        47     0     3     1    11
  2.3488096968472664E+01 a        48     0     3     1    12
 -6.6383274841041109E+00 a        49     0     3     1    13
 -2.9277304367835488E-01 a        50     0     3     1    14
 -6.0600071943963760E+00 a        51     0     3     1    15
  1.5326238265729515E+01 a        52     0     3     1    16
 -9.3557352379717607E-01 a        53     0     3     1    17
  1.0404982197931320E+01 a        54     0     3     1    18
  9.3438526870760121E+00 a        55     0     4     1     1
 -1.5788754945564486E+01 a        56     0     4     1     2
 -1.3002349990030712E+01 a        57     0     4     1     3
 -6.1282614313811070E+00 a        58     0     4     1     4
 -1.6589838370249126E+01 a        59     0     4     1     5
 -1.5612192437404580E+01 a        60     0     4     1     6
  6.0382271943377852E-01 a        61     0     4     1     7
 -1.2919823838924726E+01 a        62     0     4     1     8
 -5.0969246201552911E+00 a        63     0     4     1     9
 -1.4360496391197225E+01 a        64     0     4     1    10
  2.5758275659304743E+00 a        65     0     4     1    11
 -6.7023293620347015E+00 a        66     0     4     1    12
 -4.6794914400178813E+00 a        67     0     4     1    13
  8.1464845204977774E+00 a        68     0     4     1    14
  4.5640334535095430E+00 a        69     0     4     1    15
  7.4132682845431868E+00 a        70     0     4     1    16
 -5.4081930225080033E+00 a        71     0     4     1    17
 -1.0316828578558351E+01 a        72     0     4     1    18
  1.7171191851099703E+00 a        73     0     5     1     1
  1.5723132719422417E+00 a        74     0     5     1     2
 -2.6262886568878965E+01 a        75     0     5     1     3
  3.0337042480893888E+00 a        76     0     5     1     4
  3.3918968091088765E+01 a        77     0     5     1     5
  8.8820549234123778E+00 a        78     0     5     1     6
 -1.2046502302823031E+01 a        79     0     5     1     7
 -2.4239679308515878E+01 a        80     0     5     1     8
  9.8077261351063925E+00 a        81     0     5     1     9
 -2.8510024473981154E+01 a        82     0     5     1    10
 -1.2157300166454572E+01 a        83     0     5     1    11
 -1.5251291402300209E+01 a        84     0     5     1    12
  3.3839382666852811E+00 a        85     0     5     1    13
 -3.5250489290266951E+00 a        86     0     5     1    14
  1.1604227102611603E+01 a        87     0     5     1    15
 -8.3353411160827289E+00 a        88     0     5     1    16
  4.1882385181615946E+00 a        89     0     5     1    17
 -1.2551805731722162E+01 a        90     0     5     1    18
 -2.6031616725942133E+00 a        91     0     6     1     1
  2.6017530726720834E+00 a        92     0     6     1     2
 -2.2240949679597267E-02 a        93     0     6     1     3
  1.2499138430100221E+00 a        94     0     6     1     4
 -7.0213055105066169E-01 a        95     0     6     1     5
 -4.3691536574027241E+00 a        96     0     6     1     6
 -6.2096590792562871E+00 a        97     0     6     1     7
  2.0912572950886301E+00 a        98     0     6     1     8
  6.9060617797545326E-02 a        99     0     6     1     9
  1.9922450545503392E+00 a       100     0     6     1    10
  1.0547309966675611E+00 a       101     0     6     1    11
 -4.5329828434047155E+00 a       102     0     6     1    12
  2.4844130833238163E+00 a       103     0     6     1    13
 -2.3903776847954625E+00 a       104     0     6     1    14
 -5.4393137212966431E+00 a       105     0     6     1    15
 -2.6530105356320366E+00 a       106     0     6     1    16
 -1.1478952910211289E+00 a       107     0     6     1    17
 -2.0655854066202584E+00 a       108     0     6     1    18
 -1.5100245507585590E+00 a       109     0     7     1     1
  3.9565436809482124E+00 a       110     0     7     1     2
  2.6243840502782212E+00 a       111     0     7     1     3
  1.1856948240190768E+00 a       112     0     7     1     4
  4.8161385809751636E+00 a       113     0     7     1     5
  1.8784087584673732E+00 a       114     0     7     1     6
 -1.6459108889317011E+00 a       115     0     7     1     7
  3.4363452637025600E+00 a       116     0     7     1     8
  2.5015452965094278E+00 a       117     0     7     1     9
  3.2009811452486439E+00 a       118     0     7     1    10
 -1.9726436705376349E+00 a       119     0     7     1    11
  7.5314008196430082E-01 a       120     0     7     1    12
  9.3492811892096350E-01 a       121     0     7     1    13
 -2.2259481890367847E+00 a       122     0     7     1    14
 -7.4798648433154757E-01 a       123     0     7     1    15
 -2.8793610956233402E+00 a       124     0     7     1    16
 -4.8789376811673429E-01 a       125     0     7     1    17
 -1.0855144827399739E-01 a       126     0     7     1    18
 -4.4590291814321406E+00 a       127     0     8     1     1
  2.3349801191779518E+00 a       128     0     8     1     2
  1.0966340376918394E+01 a       129     0     8     1     3
  9.8631138593405943E-01 a       130     0     8     1     4
 -3.7799925409997575E+00 a       131     0     8     1     5
 -3.8618719359681641E+00 a       132     0     8     1     6
  4.3257490241303280E+00 a       133     0     8     1     7
  7.1219743943691656E+00 a       134     0     8     1     8
 -4.7974919325275350E-01 a       135     0     8     1     9
  1.0250576445284230E+01 a       136     0     8     1    10
  3.1746431285333321E-01 a       137     0     8     1    11
 -1.0040251148770445E+00 a       138     0     8     1    12
  5.8742340382660763E-01 a       139     0     8     1    13
 -8.5535343151571935E-03 a       140     0     8     1    14
 -3.4250151171504939E+00 a       141     0     8     1    15
  1.3279214488999025E+00 a       142     0     8     1    16
  5.9933954478640805E-02 a       143     0     8     1    17
  4.4901182525344820E+00 a       144     0     8     1    18
  7.2325393852545716E-01 a       145     0     9     1     1
 -1.7099779771068084E+00 a       146     0     9     1     2
  7.2348840349813248E-01 a       147     0     9     1     3
 -2.7477082977472793E-03 a       148     0     9     1     4
 -3.1934382955795715E-01 a       149     0     9     1     5
  1.9060940210632817E+00 a       150     0     9     1     6
  2.1062172639782188E+00 a       151     0     9     1     7
 -7.5551998243021301E-01 a       152     0     9     1     8
 -4.3884603889902013E-01 a       153     0     9     1     9
 -5.2526486145092066E-01 a       154     0     9     1    10
 -8.1860803041531094E-01 a       155     0     9     1    11
  1.4762052890116006E+00 a       156     0     9     1    12
 -9.4161732968728951E-01 a       157     0     9     1    13
  8.5213496741449646E-01 a       158     0     9     1    14
  2.7234526882494170E+00 a       159     0     9     1    15
  1.9601328462596566E+00 a       160     0     9     1    16
  5.5163019172932048E-01 a       161     0     9     1    17
  4.2912372919810743E-01 a       162     0     9     1    18
  8.4126164412126128E-02 a       163     0    10     1     1
  2.3606239884192473E+00 a       164     0    10     1     2
 -1.1794055429872472E+00 a       165     0    10     1     3
  5.3995244338780033E+00 a       166     0    10     1     4
  4.2074758913924288E+00 a       167     0    10     1     5
 -5.4239080727553510E+00 a       168     0    10     1     6
 -8.8953297877270394E+00 a       169     0    10     1     7
  9.2453964187468003E+00 a       170     0    10     1     8
 -4.8862627981214839E+00 a       171     0    10     1     9
  9.6313153967252152E+00 a       172     0    10     1    10
  6.4435393145194331E-01 a       173     0    10     1    11
  5.6768667773092005E+00 a       174     0    10     1    12
 -9.7820052570979499E-01 a       175     0    10     1    13
 -2.6724297517534672E+00 a       176     0    10     1    14
 -3.4440502970097371E+00 a       177     0    10     1    15
 -3.1360398785030195E+00 a       178     0    10     1    16
  2.2304481375286209E+00 a       179     0    10     1    17
 -1.0255554387237096E+01 a       180     0    10     1    18
  5.0692175671766027E+00 a       181     0    11     1     1
 -2.4742867704691736E+00 a       182     0    11     1     2
 -1.0245900154269313E+01 a       183     0    11     1     3
  9.2538634423575488E+00 a       184     0    11     1     4
 -1.9096376938706672E+00 a       185     0    11     1     5
 -9.7668917274920570E+00 a       186     0    11     1     6
  2.5114119400918815E+00 a       187     0    11     1     7
 -1.7356881449350077E+01 a       188     0    11     1     8
 -3.8164480808485357E-01 a       189     0    11     1     9
  2.9186084600808933E+00 a       190     0    11     1    10
  6.1420660294173535E-01 a       191     0    11     1    11
  6.3490344301068191E+00 a       192     0    11     1    12
  2.5365125845257053E+00 a       193     0    11     1    13
 -3.1236228586176575E+00 a       194     0    11     1    14
 -6.5045934699417600E+00 a       195     0    11     1    15
 -3.8853872346313811E+00 a       196     0    11     1    16
  1.0221680123050932E+01 a       197     0    11     1    17
 -2.1906716120629717E+01 a       198     0    11     1    18
 -1.7261171774506035E+01 a       199     0    12     1     1
  5.0466907648850494E+00 a       200     0    12     1     2
 -1.7952503996378280E+00 a       201     0    12     1     3
  2.0743405608611960E+00 a       202     0    12     1     4
  2.5181648873491589E+01 a       203     0    12     1     5
  3.7723189950656546E+00 a       204     0    12     1     6
 -9.7826715064899605E-01 a       205     0    12     1     7
 -2.9333342671622469E+00 a       206     0    12     1     8
 -5.5869897501283114E+00 a       207     0    12     1     9
 -5.1153166176892806E-01 a       208     0    12     1    10
 -1.1986483187764597E+01 a       209     0    12     1    11
 -5.9905900418811360E+00 a       210     0    12     1    12
 -6.8110182310612666E-01 a       211     0    12     1    13
  5.4440423033400096E+00 a       212     0    12     1    14
 -1.1833825040472901E+01 a       213     0    12     1    15
 -1.6148362178295461E+01 a       214     0    12     1    16
 -1.4456975756643400E+00 a       215     0    12     1    17
 -3.2209817804684553E+00 a       216     0    12     1    18
 -4.8238967447222203E+00 a       217     0    13     1     1
  4.5306991943619490E+00 a       218     0    13     1     2
  3.1616463045840324E+00 a       219     0    13     1     3
 -4.5312475738746398E+00 a       220     0    13     1     4
 -2.5527304541687572E+00 a       221     0    13     1     5
  6.0799372133775353E+00 a       222     0    13     1     6
  1.6006832334735550E+00 a       223     0    13     1     7
  1.8325552084552574E-01 a       224     0    13     1     8
 -5.2651651958409973E+00 a       225     0    13     1     9
 -2.2040919625347741E+00 a       226     0    13     1    10
  9.0364105721895960E-01 a       227     0    13     1    11
  4.4014350599581000E+00 a       228     0    13     1    12
 -2.1720698977801708E-01 a       229     0    13     1    13
  5.0147820655417057E+00 a       230     0    13     1    14
  9.1100677647334827E+00 a       231     0    13     1    15
 -6.4566162864846817E+00 a       232     0    13     1    16
 -3.2673052226682935E+00 a       233     0    13     1    17
 -1.2464968818545778E+01 a       234     0    13     1    18
 -1.3230177664135512E+01 a       235     0    14     1     1
 -2.8774910592741647E+00 a       236     0    14     1     2
 -4.7539024696775964E+00 a       237     0    14     1     3
  7.6726761884021384E+00 a       238     0    14     1     4
  2.1239782265155046E+01 a       239     0    14     1     5
  1.0188731835748783E+01 a       240     0    14     1     6
 -2.9898429784048557E+00 a       241     0    14     1     7
  1.8522497533784263E+00 a       242     0    14     1     8
 -2.2624317372781344E+00 a       243     0    14     1     9
  2.7472487608219449E+00 a       244     0    14     1    10
 -8.8136200693217486E+00 a       245     0    14     1    11
 -1.7236619485268470E+00 a       246     0    14     1    12
 -1.8832063423732411E+01 a       247     0    14     1    13
  8.1717487446692800E+00 a       248     0    14     1    14
  4.6486051471567846E-01 a       249     0    14     1    15
 -4.6005875938588341E+00 a       250     0    14     1    16
 -1.1962525795559255E+01 a       251     0    14     1    17
  1.0761478620348390E+01 a       252     0    14     1    18
  6.2598278552032323E+00 a       253     0    15     1     1
  5.4080918351208096E+00 a       254     0    15     1     2
  6.6095494437878557E+00 a       255     0    15     1     3
 -1.0022271118026282E+01 a       256     0    15     1     4
 -6.5803190216654421E+00 a       257     0    15     1     5
 -1.1679267459404354E+00 a       258     0    15     1     6
  6.9860786214802770E+00 a       259     0    15     1     7
  4.3182305489994492E+00 a       260     0    15     1     8
  5.8550388034850442E+00 a       261     0    15     1     9
 -1.8499339314852770E+00 a       262     0    15     1    10
  9.3084330234800061E-01 a       263     0    15     1    11
  2.5191549661054431E+00 a       264     0    15     1    12
 -1.8167970776884651E+01 a       265     0    15     1    13
  2.1803000159274029E+00 a       266     0    15     1    14
 -8.8494364750270638E+00 a       267     0    15     1    15
 -5.6008565441045484E+00 a       268     0    15     1    16
 -1.0460070210101930E+01 a       269     0    15     1    17
  4.6059195201467391E+00 a       270     0    15     1    18
  5.1356140109604755E+00 a       271     0    16     1     1
  5.6381783659599094E+00 a       272     0    16     1     2
  4.9878935891261458E+00 a       273     0    16     1     3
 -1.6147092662550988E+00 a       274     0    16     1     4
 -3.0323807595345897E+00 a       275     0    16     1     5
  1.1314892908504042E+01 a       276     0    16     1     6
  1.0878499377510005E+01 a       277     0    16     1     7
  9.3557475726312909E+00 a       278     0    16     1     8
  7.7946344024070040E+00 a       279     0    16     1     9
  8.6207464893526833E+00 a       280     0    16     1    10
  3.5680757621137658E+00 a       281     0    16     1    11
  2.3344635892319729E+00 a       282     0    16     1    12
 -6.0271333990165887E+00 a       283     0    16     1    13
  2.5195438528137455E+00 a       284     0    16     1    14
 -8.9423627617826913E+00 a       285     0    16     1    15
  5.9833462383726985E+00 a       286     0    16     1    16
  9.1016838281318542E+00 a       287     0    16     1    17
  1.3367082352955411E+01 a       288     0    16     1    18
  1.4492398241852213E+00 a       289     0    17     1     1
  1.5006935594041042E+00 a       290     0    17     1     2
 -2.2590545963276626E-01 a       291     0    17     1     3
 -4.7104787710740220E-01 a       292     0    17     1     4
  4.5309849807246089E-01 a       293     0    17     1     5
 -1.8204509601704211E+00 a       294     0    17     1     6
  2.6673342237008084E+00 a       295     0    17     1     7
  1.1698188997473904E+00 a       296     0    17     1     8
  5.1762098866487918E+00 a       297     0    17     1     9
 -4.3121980765483958E-01 a       298     0    17     1    10
  2.0041344983546292E+00 a       299     0    17     1    11
 -1.2995408201445944E+00 a       300     0    17     1    12
 -3.7618804973066329E+00 a       301     0    17     1    13
  3.1883894372585950E+00 a       302     0    17     1    14
 -3.4562218211588807E+00 a       303     0    17     1    15
  4.7806905042908621E-01 a       304     0    17     1    16
 -9.5305014958134884E-02 a       305     0    17     1    17
  7.1103819684944058E-01 a       306     0    17     1    18
  3.3019675827827859E+00 a       307     0    18     1     1
  1.7080418971501716E+00 a       308     0    18     1     2
  4.0408666784800502E+00 a       309     0    18     1     3
 -1.2886217308242607E+00 a       310     0    18     1     4
 -4.8799145996081672E-01 a       311     0    18     1     5
  3.2683920186744158E+00 a       312     0    18     1     6
  1.0779580144984315E+01 a       313     0    18     1     7
  3.8373093433485947E+00 a       314     0    18     1     8
  3.5155247512364878E+00 a       315     0    18     1     9
  3.2780764010406629E+00 a       316     0    18     1    10
  4.9953527483963917E-01 a       317     0    18     1    11
 -1.5715937496717920E+00 a       318     0    18     1    12
 -2.3503270846850222E+00 a       319     0    18     1    13
  2.6339898804408839E+00 a       320     0    18     1    14
 -3.1671453985175555E+00 a       321     0    18     1    15
  2.0656765619099353E+00 a       322     0    18     1    16
 -5.4514575545879698E-02 a       323     0    18     1    17
  2.1865377498959853E+00 a       324     0    18     1    18
  5.7318987534005195E-01 a       325     0    19     1     1
  1.6212402067589415E+00 a       326     0    19     1     2
  9.8906124188177114E-03 a       327     0    19     1     3
 -1.7471144196956987E+00 a       328     0    19     1     4
 -2.3549830378671031E+00 a       329     0    19     1     5
 -4.8830286261328737E-01 a       330     0    19     1     6
  3.3304327644339580E+00 a       331     0    19     1     7
  1.5205343659141493E+00 a       332     0    19     1     8
 -1.2525937694885330E+00 a       333     0    19     1     9
 -1.8743737521630943E+00 a       334     0    19     1    10
  2.0894722421420457E+00 a       335     0    19     1    11
  2.6101955800248402E+00 a       336     0    19     1    12
 -1.6319862580084705E+00 a       337     0    19     1    13
 -1.1504980690193092E+00 a       338     0    19     1    14
 -4.5827380930597661E-01 a       339     0    19     1    15
 -2.4327172901375542E+00 a       340     0    19     1    16
 -3.0414525518542801E+00 a       341     0    19     1    17
  1.6645214297524307E+00 a       342     0    19     1    18
  6.6381168016957615E+00 a       343     0    20     1     1
  4.5869583248556083E+00 a       344     0    20     1     2
  6.1874809634359504E+00 a       345     0    20     1     3
 -1.8354748186520158E+01 a       346     0    20     1     4
 -9.9498193690520900E+00 a       347     0    20     1     5
 -1.3686208064243008E+01 a       348     0    20     1     6
  2.8984571492828182E+00 a       349     0    20     1     7
 -2.5362164189900536E+01 a       350     0    20     1     8
 -2.2859911916715041E+00 a       351     0    20     1     9
 -1.1984004119931367E+01 a       352     0    20     1    10
  2.6979863666081623E+00 a       353     0    20     1    11
 -1.0209142152444240E+01 a       354     0    20     1    12
  1.3908771592255354E+01 a       355     0    20     1    13
 -1.1218534307674533E+00 a       356     0    20     1    14
 -1.5323012772788713E+01 a       357     0    20     1    15
  1.9237412754383933E+00 a       358     0    20     1    16
 -9.7700139126010050E+00 a       359     0    20     1    17
  1.6207661502368108E+01 a       360     0    20     1    18
 -3.5091540979718938E+00 a       361     0    21     1     1
 -2.9431003161702880E+00 a       362     0    21     1     2
  6.2060542812260922E+00 a       363     0    21     1     3
 -1.9316663228753555E+01 a       364     0    21     1     4
  1.1501614077018910E+01 a       365     0    21     1     5
 -8.8194283163303346E+00 a       366     0    21     1     6
 -2.0177887436009627E+01 a       367     0    21     1     7
  1.3636906345302043E+01 a       368     0    21     1     8
  2.5063321609555578E+00 a       369     0    21     1     9
 -2.1783895059218800E+01 a       370     0    21     1    10
 -5.1916277887844515E+00 a       371     0    21     1    11
 -1.4027417502943525E+01 a       372     0    21     1    12
  5.1314879997619336E+00 a       373     0    21     1    13
  2.6872045319493152E+00 a       374     0    21     1    14
  9.3791405408468318E+00 a       375     0    21     1    15
  6.7517433367025834E+00 a       376     0    21     1    16
 -3.5757946574348516E+01 a       377     0    21     1    17
  1.6718208397529157E+01 a       378     0    21     1    18
  1.0800306985374077E+01 a       379     0    22     1     1
 -3.3292058184131270E+00 a       380     0    22     1     2
  4.7835747639680175E+00 a       381     0    22     1     3
  1.0650673574717498E+01 a       382     0    22     1     4
 -3.4773922208567023E+00 a       383     0    22     1     5
 -2.5140585368509331E+01 a       384     0    22     1     6
 -3.6980505160883546E+00 a       385     0    22     1     7
 -1.1072950091608410E+01 a       386     0    22     1     8
  1.3701276635175565E+01 a       387     0    22     1     9
  3.3619336140432616E+00 a       388     0    22     1    10
  4.8064225152738738E+00 a       389     0    22     1    11
 -1.8137318799589981E+01 a       390     0    22     1    12
  1.6341266132625208E+01 a       391     0    22     1    13
 -7.8127704047470319E+00 a       392     0    22     1    14
  2.2622421479123510E+01 a       393     0    22     1    15
  1.4296497838536258E+01 a       394     0    22     1    16
 -5.2533639735526769E+00 a       395     0    22     1    17
 -7.3849561581634449E+00 a       396     0    22     1    18
  7.3480518203593226E+00 a       397     0    23     1     1
  6.3999164899645500E+00 a       398     0    23     1     2
  4.0631608219186992E+00 a       399     0    23     1     3
 -1.5467908868087109E+01 a       400     0    23     1     4
 -2.7995861378674395E+01 a       401     0    23     1     5
 -4.7233999012367223E+00 a       402     0    23     1     6
 -1.3782774177165835E+00 a       403     0    23     1     7
  5.5423992249191334E-01 a       404     0    23     1     8
 -8.2586620093115819E+00 a       405     0    23     1     9
 -9.8431939179148120E+00 a       406     0    23     1    10
  7.5948233138555343E+00 a       407     0    23     1    11
  8.2789236300685403E+00 a       408     0    23     1    12
  3.1343755780817641E+01 a       409     0    23     1    13
 -3.2965730464447511E+00 a       410     0    23     1    14
 -8.5737126929492895E+00 a       411     0    23     1    15
 -6.5650798151393375E-01 a       412     0    23     1    16
  3.2128701140136918E+01 a       413     0    23     1    17
 -2.1059008674982298E+01 a       414     0    23     1    18
 -6.2836007881335956E+00 a       415     0    24     1     1
 -1.0658757050000002E+01 a       416     0    24     1     2
 -5.7998185711897889E+00 a       417     0    24     1     3
  1.6518272586387958E+01 a       418     0    24     1     4
  6.9114729621053410E+00 a       419     0    24     1     5
 -2.2216853518570341E-03 a       420     0    24     1     6
 -7.4990626000530511E+00 a       421     0    24     1     7
  9.9518659339132647E+00 a       422     0    24     1     8
 -4.1652150126914744E+00 a       423     0    24     1     9
  8.5598217519349085E+00 a       424     0    24     1    10
 -4.8994308583644992E+00 a       425     0    24     1    11
 -1.5441491014752249E+00 a       426     0    24     1    12
  3.3745356515100626E+00 a       427     0    24     1    13
 -9.1195142929101962E+00 a       428     0    24     1    14
  7.3531344711871611E+00 a       429     0    24     1    15
  4.7234800749699710E+00 a       430     0    24     1    16
  7.6690534313911405E+00 a       431     0    24     1    17
  3.1079420305533714E+00 a       432     0    24     1    18
 -7.2964544199363228E+00 a       433     0    25     1     1
 -3.6765278598933357E+00 a       434     0    25     1     2
 -6.9807167177517107E+00 a       435     0    25     1     3
  1.2558574661689683E+01 a       436     0    25     1     4
 -3.1528648173354559E+00 a       437     0    25     1     5
 -6.9642429581093790E+00 a       438     0    25     1     6
 -5.8358881798896629E+00 a       439     0    25     1     7
 -1.1687372648701892E+01 a       440     0    25     1     8
 -1.0004168275565572E+01 a       441     0    25     1     9
  1.9368214826771586E+00 a       442     0    25     1    10
  1.3629995594206856E+00 a       443     0    25     1    11
  4.3822161821814074E+00 a       444     0    25     1    12
  2.2273587690247409E+00 a       445     0    25     1    13
 -2.7113504062506464E+00 a       446     0    25     1    14
  4.9439911218063930E+00 a       447     0    25     1    15
 -7.9385702937477571E+00 a       448     0    25     1    16
  1.0195086813773829E+01 a       449     0    25     1    17
 -1.7888511318478429E+01 a       450     0    25     1    18
  2.2881717014547274E+00 a       451     0    26     1     1
 -1.0151466596709424E+00 a       452     0    26     1     2
 -5.8407843216089750E-01 a       453     0    26     1     3
  2.3512963104896138E-02 a       454     0    26     1     4
  7.1603257820988128E-02 a       455     0    26     1     5
  2.4169280046361590E+00 a       456     0    26     1     6
 -8.5463192014395201E-02 a       457     0    26     1     7
  1.1626705725666560E+00 a       458     0    26     1     8
  2.9818691946360234E+00 a       459     0    26     1     9
  4.0319585479422809E-01 a       460     0    26     1    10
  9.4244692253583773E-01 a       461     0    26     1    11
  9.1999763017281533E-01 a       462     0    26     1    12
 -2.3048244284248103E+00 a       463     0    26     1    13
  1.6323392771813914E+00 a       464     0    26     1    14
  9.8422468593484502E-01 a       465     0    26     1    15
  3.3700676766131505E+00 a       466     0    26     1    16
  3.1177705816622034E+00 a       467     0    26     1    17
 -1.5538399546575474E+00 a       468     0    26     1    18
  3.5202716146227764E+00 a       469     0    27     1     1
 -1.9354440161525099E+00 a       470     0    27     1     2
  5.2678491810954042E-01 a       471     0    27     1     3
  6.8973025259979670E-01 a       472     0    27     1     4
 -2.1911372105097020E+00 a       473     0    27     1     5
  5.3771800735419424E+00 a       474     0    27     1     6
  6.6262072543463395E+00 a       475     0    27     1     7
 -2.9528644044515242E+00 a       476     0    27     1     8
  2.1417033052404597E+00 a       477     0    27     1     9
  1.6226019341622078E+00 a       478     0    27     1    10
 -2.0784462356818052E+00 a       479     0    27     1    11
  1.4820344955030789E+00 a       480     0    27     1    12
  3.1552401911017165E-02 a       481     0    27     1    13
 -1.6315060150406584E+00 a       482     0    27     1    14
  1.0187207101893503E+00 a       483     0    27     1    15
 -1.0266364477988137E+00 a       484     0    27     1    16
 -5.8296203483817288E-01 a       485     0    27     1    17
 -4.0011644130709723E+00 a       486     0    27     1    18
 -7.5060634569966633E-01 a       487     0    28     1     1
 -2.9228614768621779E+00 a       488     0    28     1     2
 -3.5511601697444672E+00 a       489     0    28     1     3
  1.9890153406415534E+00 a       490     0    28     1     4
  5.5669846630172026E+00 a       491     0    28     1     5
  1.0159128626475528E+01 a       492     0    28     1     6
  7.0644071372477484E+00 a       493     0    28     1     7
 -7.5808435531780927E-01 a       494     0    28     1     8
  1.9120052104938450E+00 a       495     0    28     1     9
  2.3939953620822765E+00 a       496     0    28     1    10
 -2.6428712578854889E+00 a       497     0    28     1    11
  1.3536291908347937E+00 a       498     0    28     1    12
 -9.4663468888547442E+00 a       499     0    28     1    13
 -1.0985986286022833E+00 a       500     0    28     1    14
  4.9560862459786819E+00 a       501     0    28     1    15
 -4.4268408725084045E+00 a       502     0    28     1    16
 -1.0808628110159592E+01 a       503     0    28     1    17
  7.1573962626735010E+00 a       504     0    28     1    18
 -2.9152655277121657E+00 a       505     0    29     1     1
  1.5380465361758111E-01 a       506     0    29     1     2
  2.2423484280275412E+00 a       507     0    29     1     3
  6.5953010247419752E-01 a       508     0    29     1     4
 -1.1172537949729562E+00 a       509     0    29     1     5
  1.3442971959371313E+00 a       510     0    29     1     6
 -1.3068123600577521E+00 a       511     0    29     1     7
  1.5790566080631443E+00 a       512     0    29     1     8
 -4.2125278924343341E+00 a       513     0    29     1     9
  1.0403979910556667E+00 a       514     0    29     1    10
 -1.0618854236579409E+00 a       515     0    29     1    11
  2.0167766879284263E+00 a       516     0    29     1    12
 -3.9531437859353785E-01 a       517     0    29     1    13
 -8.8303068707390142E-01 a       518     0    29     1    14
  1.1813334607729837E+00 a       519     0    29     1    15
 -3.0385372997524200E+00 a       520     0    29     1    16
 -1.5759714337275657E+00 a       521     0    29     1    17
 -1.6739435234530438E+00 a       522     0    29     1    18
 -1.7533211279406031E+00 a       523     0    30     1     1
  1.5406059977193420E+00 a       524     0    30     1     2
 -2.7547153813967449E+00 a       525     0    30     1     3
  6.4559087644149726E-01 a       526     0    30     1     4
 -1.0991566290728112E+00 a       527     0    30     1     5
 -1.2123350830446439E-01 a       528     0    30     1     6
 -8.4565777798446398E+00 a       529     0    30     1     7
  3.3535636813828784E-03 a       530     0    30     1     8
 -1.9818835400849542E+00 a       531     0    30     1     9
  8.9539866612163524E-02 a       532     0    30     1    10
  6.3560379852305360E-01 a       533     0    30     1    11
  3.1592917259568956E+00 a       534     0    30     1    12
 -9.0140181602969649E-01 a       535     0    30     1    13
 -1.4487876350377564E+00 a       536     0    30     1    14
 -9.6594497257355894E-01 a       537     0    30     1    15
  1.9554070657998301E+00 a       538     0    30     1    16
  7.2695095011127329E+00 a       539     0    30     1    17
  4.3780456581474327E+00 a       540     0    30     1    18
 -4.1304920304417072E+00 a       541     0    31     1     1
 -2.1655194859068869E+00 a       542     0    31     1     2
  1.6501379587606266E-01 a       543     0    31     1     3
  4.8589472717377289E+00 a       544     0    31     1     4
  9.8161690973722351E+00 a       545     0    31     1     5
  5.1780410341173133E-01 a       546     0    31     1     6
 -5.2109387096134228E+00 a       547     0    31     1     7
  1.4296601927868597E+00 a       548     0    31     1     8
  1.7861516355754883E+00 a       549     0    31     1     9
  2.6891723100001204E+00 a       550     0    31     1    10
 -5.3644044692176260E+00 a       551     0    31     1    11
 -1.9630923157525975E+00 a       552     0    31     1    12
 -1.1752988568565289E+01 a       553     0    31     1    13
  2.1923607946288262E+00 a       554     0    31     1    14
 -3.4379698293919114E+00 a       555     0    31     1    15
  4.0814642160440080E+00 a       556     0    31     1    16
 -5.3827564095003888E+00 a       557     0    31     1    17
  6.3937831613639275E+00 a       558     0    31     1    18
 -3.3408207548242270E+00 a       559     0    32     1     1
 -5.5204397921337289E+00 a       560     0    32     1     2
 -7.9528207965626230E+00 a       561     0    32     1     3
  1.0732639002979068E+01 a       562     0    32     1     4
  6.0817840359135786E+00 a       563     0    32     1     5
  3.6187698669841497E+00 a       564     0    32     1     6
 -1.4682415484821276E+00 a       565     0    32     1     7
 -1.8037389927952856E+00 a       566     0    32     1     8
  4.9736209189862839E+00 a       567     0    32     1     9
  5.8741748542287087E-01 a       568     0    32     1    10
  1.0916254251520895E-01 a       569     0    32     1    11
 -1.5203586096577555E+00 a       570     0    32     1    12
  1.0349123507122787E+01 a       571     0    32     1    13
  2.9509034945718846E+00 a       572     0    32     1    14
  4.6642662832591277E+00 a       573     0    32     1    15
  7.6167970520029575E+00 a       574     0    32     1    16
  1.0491662695021628E+01 a       575     0    32     1    17
 -2.0455760501998168E+00 a       576     0    32     1    18
  1.0325480912491129E+01 a       577     0    33     1     1
  7.2219144049180461E-01 a       578     0    33     1     2
 -6.0925455687273278E-01 a       579     0    33     1     3
 -7.5784918320046106E+00 a       580     0    33     1     4
 -1.7337673599297972E+01 a       581     0    33     1     5
  1.1137300410897371E+00 a       582     0    33     1     6
  3.4457002546654767E+00 a       583     0    33     1     7
  7.0679938959387147E+00 a       584     0    33     1     8
  3.6334688105619426E+00 a       585     0    33     1     9
 -2.9614599566294726E+00 a       586     0    33     1    10
  8.2223959028323268E+00 a       587     0    33     1    11
  1.1501110013945603E+01 a       588     0    33     1    12
 -3.6962766170679400E+00 a       589     0    33     1    13
 -3.0361463111549178E+00 a       590     0    33     1    14
 -7.0475402305973649E+00 a       591     0    33     1    15
  5.4122244801558193E+00 a       592     0    33     1    16
  3.3498165579472814E+00 a       593     0    33     1    17
  3.7562162098412372E-01 a       594     0    33     1    18
  8.5813389017874364E-01 a       595     0    34     1     1
  8.2559602870373408E-02 a       596     0    34     1     2
 -5.7110694101745707E-01 a       597     0    34     1     3
  2.1462794770626695E-01 a       598     0    34     1     4
  1.4393840510860496E-03 a       599     0    34     1     5
  6.8852481376934643E-02 a       600     0    34     1     6
  2.5063595579712128E-01 a       601     0    34     1     7
 -1.1001286451999227E-01 a       602     0    34     1     8
  6.6131772447821657E-01 a       603     0    34     1     9
 -2.5401895178885725E-01 a       604     0    34     1    10
  4.4085189383743140E-01 a       605     0    34     1    11
 -3.0047210443623529E-01 a       606     0    34     1    12
  3.4864680334608372E-01 a       607     0    34     1    13
 -8.1996272274920801E-01 a       608     0    34     1    14
 -1.2520728479886991E+00 a       609     0    34     1    15
 -6.6116108440245480E-01 a       610     0    34     1    16
 -4.4770872801484540E-01 a       611     0    34     1    17
 -3.9369755343982743E-01 a       612     0    34     1    18
 -3.6877501052506939E-01 a       613     0    35     1     1
 -4.0977700304006777E-02 a       614     0    35     1     2
 -8.6632650841687064E-01 a       615     0    35     1     3
  1.4652656145025709E+00 a       616     0    35     1     4
  4.8970853442200935E-01 a       617     0    35     1     5
  2.1817707841305278E-01 a       618     0    35     1     6
 -2.1538880645125182E+00 a       619     0    35     1     7
 -7.2806794264116104E-01 a       620     0    35     1     8
  3.5462183378322409E-01 a       621     0    35     1     9
 -2.6933461023311223E-01 a       622     0    35     1    10
  3.4733484087480659E-01 a       623     0    35     1    11
  6.2860735775745991E-01 a       624     0    35     1    12
  5.1775593329939851E-01 a       625     0    35     1    13
 -1.2718835684742562E+00 a       626     0    35     1    14
 -6.5708767496017020E-02 a       627     0    35     1    15
  5.4964036010559547E-01 a       628     0    35     1    16
  3.3703698480900957E-01 a       629     0    35     1    17
 -3.2446593113752320E-01 a       630     0    35     1    18
 -1.0363832302331382E+00 a       631     0    36     1     1
 -2.1809283338068282E+00 a       632     0    36     1     2
 -2.9874683045007737E+00 a       633     0    36     1     3
 -8.0049270901900071E-01 a       634     0    36     1     4
 -1.8619844699825467E+00 a       635     0    36     1     5
  2.4935625350203483E+00 a       636     0    36     1     6
 -1.7835650376455792E+00 a       637     0    36     1     7
 -5.0308214689101804E-01 a       638     0    36     1     8
 -8.1672267884501071E-01 a       639     0    36     1     9
 -1.3859153309548073E+00 a       640     0    36     1    10
 -4.7140277248713520E+00 a       641     0    36     1    11
  2.3586731430180050E-01 a       642     0    36     1    12
 -6.4220859837267619E-01 a       643     0    36     1    13
 -5.3894011322572888E-01 a       644     0    36     1    14
  1.8280788196754127E+00 a       645     0    36     1    15
 -7.3189191534578746E-01 a       646     0    36     1    16
 -1.1025156262194489E+00 a       647     0    36     1    17
  1.1922510181263093E+00 a       648     0    36     1    18
  1.5465587486902659E+00 a       649     0    37     1     1
  8.0264832147543181E+00 a       650     0    37     1     2
  4.3972342157904780E+00 a       651     0    37     1     3
 -8.7400011650445304E+00 a       652     0    37     1     4
  7.9625964583318787E+00 a       653     0    37     1     5
  8.4027746920608273E+00 a       654     0    37     1     6
  1.0098871581582312E+01 a       655     0    37     1     7
  4.3324660016683216E+00 a       656     0    37     1     8
  2.2775973770609568E+00 a       657     0    37     1     9
  2.3655508410463399E+00 a       658     0    37     1    10
  8.5753380551234515E-01 a       659     0    37     1    11
  3.2818574733834698E+00 a       660     0    37     1    12
  9.5667706312445910E-01 a       661     0    37     1    13
  4.3737838667361144E+00 a       662     0    37     1    14
  1.7823020964965739E+00 a       663     0    37     1    15
  2.4442982167093965E+00 a       664     0    37     1    16
 -1.1795751486341570E+00 a       665     0    37     1    17
 -3.7121045321592945E+00 a       666     0    37     1    18
  8.7548654351780975E-01 a       667     0    38     1     1
  1.1324039358734852E+00 a       668     0    38     1     2
 -3.3859479849224622E-01 a       669     0    38     1     3
 -9.6026989694399889E-01 a       670     0    38     1     4
  6.5963849470994662E-01 a       671     0    38     1     5
  1.3836979472993882E+00 a       672     0    38     1     6
  1.2854344702345226E+00 a       673     0    38     1     7
  2.2805736130733167E-01 a       674     0    38     1     8
  7.1641491914414623E-01 a       675     0    38     1     9
 -1.9257733457141284E+00 a       676     0    38     1    10
 -4.4024608670901932E-01 a       677     0    38     1    11
  1.7810608841256221E+00 a       678     0    38     1    12
 -1.1589832272767560E-01 a       679     0    38     1    13
 -9.6876965704026846E-02 a       680     0    38     1    14
 -6.0997794780408787E-01 a       681     0    38     1    15
 -9.7329041479169898E-01 a       682     0    38     1    16
 -1.6239400687896361E+00 a       683     0    38     1    17
 -1.4800691925624114E+00 a       684     0    38     1    18
  7.4801823744083684E+00 a       685     0    39     1     1
 -1.1200001362510972E+00 a       686     0    39     1     2
 -9.5804523116460649E-01 a       687     0    39     1     3
 -4.7035615931988612E+00 a       688     0    39     1     4
  8.2284682710603718E+00 a       689     0    39     1     5
  1.5728334800884413E+01 a       690     0    39     1     6
  1.6564197023758009E+01 a       691     0    39     1     7
 -3.4036902296005076E+00 a       692     0    39     1     8
  3.6094737206847340E+00 a       693     0    39     1     9
 -6.5933734320446993E+00 a       694     0    39     1    10
 -6.2588768108780259E+00 a       695     0    39     1    11
  2.1841194136126636E+00 a       696     0    39     1    12
  2.7355967532644456E+00 a       697     0    39     1    13
 -1.2836852151452778E+00 a       698     0    39     1    14
  7.8043325011534002E+00 a       699     0    39     1    15
  2.3046094426896011E+00 a       700     0    39     1    16
 -3.5303534859138108E+00 a       701     0    39     1    17
 -9.1700630318332177E+00 a       702     0    39     1    18
  1.6709705049731784E+00 a       703     0    40     1     1
  2.7224466381727956E+00 a       704     0    40     1     2
  1.3366186195781431E+00 a       705     0    40     1     3
 -3.7280782492213838E-01 a       706     0    40     1     4
  5.9332839772626000E-01 a       707     0    40     1     5
  2.9575288776371007E+00 a       708     0    40     1     6
  7.6970502340966140E+00 a       709     0    40     1     7
 -2.5501356453609594E+00 a       710     0    40     1     8
  5.1175305677465655E-01 a       711     0    40     1     9
 -4.3828999832974205E+00 a       712     0    40     1    10
  1.3592193244083381E+00 a       713     0    40     1    11
  3.8954035695966862E+00 a       714     0    40     1    12
 -3.5031851179229276E+00 a       715     0    40     1    13
  2.8053285020476562E+00 a       716     0    40     1    14
  8.6275607012915545E-01 a       717     0    40     1    15
 -3.4630155391178630E-01 a       718     0    40     1    16
 -2.4908890355348197E+00 a       719     0    40     1    17
  1.5399357199407318E-01 a       720     0    40     1    18
 -5.7398420858163013E-01 a       721     0    41     1     1
  2.4794791742461933E-01 a       722     0    41     1     2
 -6.3923756029431331E-02 a       723     0    41     1     3
 -1.1173326025423935E+00 a       724     0    41     1     4
  1.2944583134735212E+00 a       725     0    41     1     5
 -6.8592406552826973E-02 a       726     0    41     1     6
  1.6324442073619048E+00 a       727     0    41     1     7
 -3.1047384855819291E+00 a       728     0    41     1     8
 -1.8411133777060068E-01 a       729     0    41     1     9
 -2.7318327253661017E+00 a       730     0    41     1    10
 -1.2092626468551575E+00 a       731     0    41     1    11
  2.0002052513129258E+00 a       732     0    41     1    12
 -5.6717608459459079E-01 a       733     0    41     1    13
 -7.4117062624820110E-02 a       734     0    41     1    14
  1.6538047320560145E+00 a       735     0    41     1    15
 -1.0632077972823997E+00 a       736     0    41     1    16
 -9.4675249239523929E-01 a       737     0    41     1    17
 -6.0957712621407434E-01 a       738     0    41     1    18
  4.2821672639325694E+00 a       739     0    42     1     1
  1.0392711798819176E+01 a       740     0    42     1     2
 -7.6874902497615931E+00 a       741     0    42     1     3
 -6.2601381943956023E+00 a       742     0    42     1     4
 -2.6675178729907527E+00 a       743     0    42     1     5
  1.1617751354605584E+01 a       744     0    42     1     6
 -8.2271195167971811E+00 a       745     0    42     1     7
 -5.7432296212439500E+00 a       746     0    42     1     8
  8.8504561162472566E+00 a       747     0    42     1     9
  1.1949307887951530E+00 a       748     0    42     1    10
 -7.4984710239600760E+00 a       749     0    42     1    11
  3.9962082458867068E+00 a       750     0    42     1    12
  5.6600990648827159E+00 a       751     0    42     1    13
 -1.8321039368658727E+01 a       752     0    42     1    14
 -1.1892924805995653E+00 a       753     0    42     1    15
 -3.9161478624400865E+00 a       754     0    42     1    16
  3.7135159706006693E-01 a       755     0    42     1    17
  1.2785508734794082E+01 a       756     0    42     1    18
 -1.0962719655411155E+01 a       757     0    43     1     1
 -2.0273520933874483E+01 a       758     0    43     1     2
 -8.6182129402542138E+00 a       759     0    43     1     3
  2.1265860463612761E+01 a       760     0    43     1     4
 -1.7145692973432002E+01 a       761     0    43     1     5
 -1.0217837090961741E+01 a       762     0    43     1     6
 -7.1866361660481877E+00 a       763     0    43     1     7
 -9.7922837244621945E+00 a       764     0    43     1     8
  3.8947972079769282E+00 a       765     0    43     1     9
 -1.2334977439099257E+01 a       766     0    43     1    10
 -4.2964133624186074E+00 a       767     0    43     1    11
 -1.2060855705928690E+01 a       768     0    43     1    12
 -4.2384430618952678E+00 a       769     0    43     1    13
 -1.2574305453008661E+01 a       770     0    43     1    14
 -1.2430904918421472E-01 a       771     0    43     1    15
 -2.4820582358157459E+00 a       772     0    43     1    16
 -1.7749993687640558E-01 a       773     0    43     1    17
  2.6142131346315907E+00 a       774     0    43     1    18
 -6.8974492755763739E-01 a       775     0    44     1     1
 -5.0121911071129510E+00 a       776     0    44     1     2
  2.0968844524095060E+00 a       777     0    44     1     3
  1.0366152046258230E+00 a       778     0    44     1     4
 -5.8493814571123233E+00 a       779     0    44     1     5
 -2.2676691122615011E+00 a       780     0    44     1     6
  4.0932783328877616E+00 a       781     0    44     1     7
  8.0016749058250347E-01 a       782     0    44     1     8
 -7.7804201576543275E-01 a       783     0    44     1     9
  4.4873276965544812E-01 a       784     0    44     1    10
  3.1761341211254610E+00 a       785     0    44     1    11
 -4.8422424937782678E+00 a       786     0    44     1    12
 -5.3742138833790216E+00 a       787     0    44     1    13
  1.0684817986586485E-01 a       788     0    44     1    14
  3.8459446562767057E+00 a       789     0    44     1    15
  3.7123390071638922E+00 a       790     0    44     1    16
  2.1887960017540609E+00 a       791     0    44     1    17
  8.1311225786788055E-01 a       792     0    44     1    18
 -1.5124424789362841E+01 a       793     0    45     1     1
 -7.9614932317488183E+00 a       794     0    45     1     2
  6.1687835520310772E+00 a       795     0    45     1     3
  6.8218844298160546E+00 a       796     0    45     1     4
 -2.4098227803490349E+01 a       797     0    45     1     5
 -1.7119282835158494E+01 a       798     0    45     1     6
 -2.0565132724140685E+01 a       799     0    45     1     7
 -5.4245280604996216E-01 a       800     0    45     1     8
 -8.7559080959971745E+00 a       801     0    45     1     9
  1.5134782338259226E+01 a       802     0    45     1    10
  8.5210388893149069E+00 a       803     0    45     1    11
 -3.3061231694711446E+00 a       804     0    45     1    12
 -3.6072072241825337E+00 a       805     0    45     1    13
 -2.4843346480909552E+00 a       806     0    45     1    14
 -5.2760617649452985E+00 a       807     0    45     1    15
 -3.6818168230468191E+00 a       808     0    45     1    16
 -2.8726511575440161E-02 a       809     0    45     1    17
  1.3853633252384649E+01 a       810     0    45     1    18
 -5.5358116803486990E-01 a       811     0    46     1     1
 -1.8266729654735769E+00 a       812     0    46     1     2
 -6.4082390137897320E+00 a       813     0    46     1     3
 -2.6716068156911610E+00 a       814     0    46     1     4
  2.4375779529646242E+00 a       815     0    46     1     5
 -6.6892951525992812E+00 a       816     0    46     1     6
 -1.3985010187587532E+01 a       817     0    46     1     7
  1.8871503443787154E+00 a       818     0    46     1     8
  8.2593528366509628E-01 a       819     0    46     1     9
  4.7705686022643734E+00 a       820     0    46     1    10
 -8.1279558949782882E-01 a       821     0    46     1    11
 -2.8784591016831298E+00 a       822     0    46     1    12
  2.6493452168253397E+00 a       823     0    46     1    13
 -4.5887271559851941E+00 a       824     0    46     1    14
  1.3149833783136764E+00 a       825     0    46     1    15
 -4.5608441145528840E+00 a       826     0    46     1    16
 -5.2315734950840664E-01 a       827     0    46     1    17
 -4.5725364891759135E+00 a       828     0    46     1    18
  4.4937856431754479E+00 a       829     0    47     1     1
 -1.4552497584515603E-01 a       830     0    47     1     2
 -1.3995431775561745E-01 a       831     0    47     1     3
  3.9883952878075641E+00 a       832     0    47     1     4
 -3.9099288495829043E+00 a       833     0    47     1     5
  5.2524979422976870E+00 a       834     0    47     1     6
  4.8020195591719067E-01 a       835     0    47     1     7
  4.1888238268503901E+00 a       836     0    47     1     8
  2.0194941289685675E-01 a       837     0    47     1     9
  5.6242771587677032E+00 a       838     0    47     1    10
  2.4632295761400549E+00 a       839     0    47     1    11
 -3.8489231373919486E+00 a       840     0    47     1    12
  1.0920352737759864E+00 a       841     0    47     1    13
  2.2384993036996836E+00 a       842     0    47     1    14
 -6.1869699625405794E-01 a       843     0    47     1    15
  4.3266291696429136E+00 a       844     0    47     1    16
  2.1059465410944287E+00 a       845     0    47     1    17
  2.7581937661188105E+00 a       846     0    47     1    18
  8.7031048630678587E+00 a       847     0    48     1     1
 -1.5564290558639835E+01 a       848     0    48     1     2
  4.3255170909577406E-01 a       849     0    48     1     3
  8.2587731583959467E+00 a       850     0    48     1     4
 -1.3621618367760204E+01 a       851     0    48     1     5
 -8.1907347213096511E+00 a       852     0    48     1     6
  1.2122890729177270E+01 a       853     0    48     1     7
  3.5182087230064534E+00 a       854     0    48     1     8
 -1.1584957021112350E+00 a       855     0    48     1     9
  9.4775685497239504E-01 a       856     0    48     1    10
 -3.2891848865552169E+00 a       857     0    48     1    11
 -2.1847929750033521E+00 a       858     0    48     1    12
 -1.5273741376969813E+01 a       859     0    48     1    13
  2.2718198531355455E+01 a       860     0    48     1    14
  1.8100630493006098E+00 a       861     0    48     1    15
  1.5832251901875480E+01 a       862     0    48     1    16
  1.1147955175821131E+01 a       863     0    48     1    17
  5.8833173521423365E+00 a       864     0    48     1    18
  1.0117029680797736E+00 a       865     0    49     1     1
 -1.0933127036336896E+00 a       866     0    49     1     2
 -8.4902751554975930E-01 a       867     0    49     1     3
  7.5391125797984515E-01 a       868     0    49     1     4
 -7.9308347170539739E-01 a       869     0    49     1     5
 -2.7400014023477665E-01 a       870     0    49     1     6
 -9.9242267475696533E-01 a       871     0    49     1     7
 -2.2579685684854317E-01 a       872     0    49     1     8
 -3.0906967382878545E-02 a       873     0    49     1     9
 -3.1122688176021068E-02 a       874     0    49     1    10
 -2.0219699132906485E-01 a       875     0    49     1    11
 -2.2957489565493855E-01 a       876     0    49     1    12
 -2.1371968837471358E-01 a       877     0    49     1    13
 -1.2944670829397773E+00 a       878     0    49     1    14
 -7.6097651562780522E-01 a       879     0    49     1    15
  2.7110441953757402E-02 a       880     0    49     1    16
  6.1270143264827470E-01 a       881     0    49     1    17
  7.6679548090015848E-01 a       882     0    49     1    18
  2.5528255550520473E-01 a       883     0    50     1     1
 -3.2209436557053961E-01 a       884     0    50     1     2
 -5.6463587328564147E-01 a       885     0    50     1     3
 -5.7156076264826794E-01 a       886     0    50     1     4
 -9.2463728756790242E-01 a       887     0    50     1     5
 -1.3730469134309820E+00 a       888     0    50     1     6
 -1.8287177097595699E+00 a       889     0    50     1     7
 -6.2553222618592308E-01 a       890     0    50     1     8
 -7.1183291888231248E-01 a       891     0    50     1     9
  9.3926872737074663E-01 a       892     0    50     1    10
  5.3922947949199496E-01 a       893     0    50     1    11
  9.8831839067862159E-01 a       894     0    50     1    12
 -1.0077763783744134E+00 a       895     0    50     1    13
  6.9633784470166737E-01 a       896     0    50     1    14
  2.4798417835336019E-02 a       897     0    50     1    15
 -4.0524157842948350E-01 a       898     0    50     1    16
 -2.4889899953348826E-01 a       899     0    50     1    17
  1.1933323376463878E+00 a       900     0    50     1    18
  3.2917503534754067E-01 a       901     0    51     1     1
 -4.1092238765040099E+00 a       902     0    51     1     2
 -5.8892377507135096E-01 a       903     0    51     1     3
  2.0143351024033094E+00 a       904     0    51     1     4
 -4.1909221127950715E+00 a       905     0    51     1     5
 -3.1329220706163436E+00 a       906     0    51     1     6
 -3.9055920480845758E+00 a       907     0    51     1     7
 -9.8127759859558616E-01 a       908     0    51     1     8
 -2.5139864825292255E+00 a       909     0    51     1     9
 -2.3405697105770069E+00 a       910     0    51     1    10
 -9.0591758079386631E-01 a       911     0    51     1    11
  2.3425209376579819E+00 a       912     0    51     1    12
 -1.3513633809981860E+00 a       913     0    51     1    13
  1.0696252233300996E+00 a       914     0    51     1    14
  2.9213962775721797E-01 a       915     0    51     1    15
  3.3573672703252988E-01 a       916     0    51     1    16
 -1.4538735223625232E+00 a       917     0    51     1    17
 -1.3656532738395895E+00 a       918     0    51     1    18
  1.0748766713923676E+00 a       919     0    52     1     1
  9.5632268782202772E+00 a       920     0    52     1     2
  1.0142000955769364E+01 a       921     0    52     1     3
 -1.4573493331823446E+01 a       922     0    52     1     4
  7.0103179326761964E+00 a       923     0    52     1     5
  8.4257808065356450E+00 a       924     0    52     1     6
  4.1949304455892014E+00 a       925     0    52     1     7
  4.7630739669856688E+00 a       926     0    52     1     8
 -5.1531681032373404E+00 a       927     0    52     1     9
  1.1746779390343404E+01 a       928     0    52     1    10
  3.1494979487115332E-01 a       929     0    52     1    11
  3.4679659073067475E+00 a       930     0    52     1    12
  3.7045731116404306E+00 a       931     0    52     1    13
  6.2026290717028250E+00 a       932     0    52     1    14
 -3.1428517067740491E-01 a       933     0    52     1    15
  2.2745005294885292E+00 a       934     0    52     1    16
 -1.2712572093374803E+00 a       935     0    52     1    17
 -1.7399203149084455E+00 a       936     0    52     1    18
 -4.3281127547490594E-01 a       937     0    53     1     1
  3.5538760519445640E+00 a       938     0    53     1     2
  7.8020640784693659E-02 a       939     0    53     1     3
 -2.8677991817413320E+00 a       940     0    53     1     4
  5.6442075435831525E+00 a       941     0    53     1     5
  2.3422317278122358E+00 a       942     0    53     1     6
  3.6236009654814999E-01 a       943     0    53     1     7
  7.1882578072934755E-01 a       944     0    53     1     8
  1.2436958821040702E+00 a       945     0    53     1     9
 -4.7005661336052296E-01 a       946     0    53     1    10
 -3.1364441222069201E+00 a       947     0    53     1    11
  5.9390102255272348E-01 a       948     0    53     1    12
  3.2471751922206589E+00 a       949     0    53     1    13
  8.4628264649148377E-01 a       950     0    53     1    14
 -1.4737756382931440E+00 a       951     0    53     1    15
 -2.5106544753631361E+00 a       952     0    53     1    16
 -1.5248944962018653E+00 a       953     0    53     1    17
 -1.5328739155406064E+00 a       954     0    53     1    18
  8.1825880176742007E+00 a       955     0    54     1     1
  6.5160491462114845E+00 a       956     0    54     1     2
 -6.3802205502929255E+00 a       957     0    54     1     3
 -2.1416831616509309E+00 a       958     0    54     1     4
  1.3318272590292107E+01 a       959     0    54     1     5
  1.1681060629226112E+01 a       960     0    54     1     6
  7.0529139720610941E+00 a       961     0    54     1     7
  3.8653070250361030E+00 a       962     0    54     1     8
  7.7027213372737879E+00 a       963     0    54     1     9
 -9.7285174289713847E+00 a       964     0    54     1    10
 -4.5391460777849435E+00 a       965     0    54     1    11
 -2.2937254419209907E+00 a       966     0    54     1    12
  4.0690124530729390E+00 a       967     0    54     1    13
 -1.0359446404650949E+00 a       968     0    54     1    14
  4.9168526177383187E-01 a       969     0    54     1    15
  4.2938876681174926E-01 a       970     0    54     1    16
  2.2201555800656289E-01 a       971     0    54     1    17
 -8.6692005911495631E+00 a       972     0    54     1    18
 -1.2964664401355872E+00 a       973     0    55     1     1
  1.6286239279361561E+00 a       974     0    55     1     2
  4.2094820077178214E+00 a       975     0    55     1     3
 -2.3588345282471893E-01 a       976     0    55     1     4
  4.7358573356674050E-01 a       977     0    55     1     5
  5.2955979687365353E+00 a       978     0    55     1     6
  8.0534200207037259E+00 a       979     0    55     1     7
  8.4988848044206045E-01 a       980     0    55     1     8
 -1.1743524142062414E+00 a       981     0    55     1     9
 -1.3298337153356390E+00 a       982     0    55     1    10
 -1.5483896403360833E+00 a       983     0    55     1    11
 -1.1486857276863855E+00 a       984     0    55     1    12
 -1.3009542296648324E+00 a       985     0    55     1    13
  5.7788902107719125E+00 a       986     0    55     1    14
  1.5986719736684838E+00 a       987     0    55     1    15
  2.3782153757465005E-01 a       988     0    55     1    16
 -1.4792559942542296E+00 a       989     0    55     1    17
  2.0702647834455363E+00 a       990     0    55     1    18
 -3.5221268509564041E+00 a       991     0    56     1     1
 -1.1242368023229476E+00 a       992     0    56     1     2
  1.5135317656983422E+00 a       993     0    56     1     3
 -2.2257651024972493E+00 a       994     0    56     1     4
  3.4344576736866226E+00 a       995     0    56     1     5
  8.9279423469144770E-01 a       996     0    56     1     6
  2.6612305568742034E-01 a       997     0    56     1     7
 -3.9001294700929425E+00 a       998     0    56     1     8
 -1.2522442766415804E+00 a       999     0    56     1     9
 -1.4956581532686715E+00 a      1000     0    56     1    10
 -4.2666631739996612E+00 a      1001     0    56     1    11
  8.9629401715120804E-01 a      1002     0    56     1    12
  4.2372730309028672E-01 a      1003     0    56     1    13
  4.7170877910044075E-02 a      1004     0    56     1    14
  4.1725187069749170E+00 a      1005     0    56     1    15
 -2.1800882632477516E+00 a      1006     0    56     1    16
 -3.4723814606606579E-01 a      1007     0    56     1    17
 -9.3288557444800690E-02 a      1008     0    56     1    18
 -1.1683000343287722E+01 a      1009     0    57     1     1
  2.6584472242102168E+00 a      1010     0    57     1     2
 -2.5836328207351640E+00 a      1011     0    57     1     3
 -8.5202963390181230E-01 a      1012     0    57     1     4
  1.2604570214644337E+01 a      1013     0    57     1     5
  1.5738943296335659E+01 a      1014     0    57     1     6
 -1.4484377017214763E+01 a      1015     0    57     1     7
 -4.1030152657064569E+00 a      1016     0    57     1     8
 -2.3150735288852644E+00 a      1017     0    57     1     9
  6.8325590608886451E+00 a      1018     0    57     1    10
 -3.2600306054244945E+00 a      1019     0    57     1    11
 -1.2934481351827003E+00 a      1020     0    57     1    12
  9.5599377746382128E+00 a      1021     0    57     1    13
 -7.8375937780007430E+00 a      1022     0    57     1    14
  1.0019520480075707E+01 a      1023     0    57     1    15
 -8.7772499033444156E+00 a      1024     0    57     1    16
 -3.7781952108475303E+00 a      1025     0    57     1    17
  1.3492173113711925E+00 a      1026     0    57     1    18
 -3.1571814076888605E+00 a      1027     0    58     1     1
  2.9321027966093438E+00 a      1028     0    58     1     2
 -2.3866208695160021E+00 a      1029     0    58     1     3
  2.4186719307847491E+00 a      1030     0    58     1     4
 -8.7136101575386526E-01 a      1031     0    58     1     5
 -7.9875017080798187E+00 a      1032     0    58     1     6
 -9.6138879694341064E+00 a      1033     0    58     1     7
  2.5400590446523892E+00 a      1034     0    58     1     8
  1.3838452404579784E+00 a      1035     0    58     1     9
 -1.3262268138531730E+00 a      1036     0    58     1    10
  3.7659367322673010E+00 a      1037     0    58     1    11
 -1.4063368634398719E+00 a      1038     0    58     1    12
 -6.6939488148631199E-01 a      1039     0    58     1    13
  4.5280777664119193E-01 a      1040     0    58     1    14
 -5.4970515328678227E+00 a      1041     0    58     1    15
 -3.1166140029460445E+00 a      1042     0    58     1    16
  1.6795391840054459E+00 a      1043     0    58     1    17
  1.5631725063542026E+00 a      1044     0    58     1    18
 -4.0997848999970854E+00 a      1045     0    59     1     1
  3.9508668590074185E+00 a      1046     0    59     1     2
  8.8632858024518075E+00 a      1047     0    59     1     3
 -1.3621652318611412E+00 a      1048     0    59     1     4
  1.3705503633264435E+01 a      1049     0    59     1     5
 -6.5045744242240371E+00 a      1050     0    59     1     6
  9.6420127676204945E+00 a      1051     0    59     1     7
  3.1222567258030440E+00 a      1052     0    59     1     8
 -2.8294626892279497E+00 a      1053     0    59     1     9
 -2.3260379076164636E-01 a      1054     0    59     1    10
  1.1139926367346751E+01 a      1055     0    59     1    11
 -1.7061873036665718E+00 a      1056     0    59     1    12
  9.5139983549865303E-01 a      1057     0    59     1    13
  8.9347241738080871E+00 a      1058     0    59     1    14
 -1.9093158459398338E+00 a      1059     0    59     1    15
 -4.4155774935277803E+00 a      1060     0    59     1    16
 -6.0911669292162829E+00 a      1061     0    59     1    17
 -1.4291390387901407E+01 a      1062     0    59     1    18
  6.0925578030595204E+00 a      1063     0    60     1     1
  2.7099735094253035E+00 a      1064     0    60     1     2
 -3.7300206405749128E+00 a      1065     0    60     1     3
  1.1595390637818870E+00 a      1066     0    60     1     4
  2.4261735654815997E+00 a      1067     0    60     1     5
 -2.8581827936684272E+00 a      1068     0    60     1     6
 -3.1966501725113829E+00 a      1069     0    60     1     7
  1.5865548839724550E+00 a      1070     0    60     1     8
 -2.9931546673473375E-01 a      1071     0    60     1     9
 -1.9483728519757593E+00 a      1072     0    60     1    10
  2.1141278514924222E+00 a      1073     0    60     1    11
  4.2678089102277674E+00 a      1074     0    60     1    12
 -1.0143648365615510E+00 a      1075     0    60     1    13
  2.5648758151454820E+00 a      1076     0    60     1    14
  1.8144797491050817E+00 a      1077     0    60     1    15
 -4.9676765245401033E-01 a      1078     0    60     1    16
  1.2844721693384047E+00 a      1079     0    60     1    17
  1.0128068996353474E+00 a      1080     0    60     1    18
 -1.2043452124856326E+00 a      1081     0    61     1     1
  7.0545001865482693E-01 a      1082     0    61     1     2
 -1.4803927429506442E-01 a      1083     0    61     1     3
  2.2115338164215466E+00 a      1084     0    61     1     4
  4.7121178693555532E-01 a      1085     0    61     1     5
 -6.5743995600040916E-01 a      1086     0    61     1     6
 -4.1212504350374761E+00 a      1087     0    61     1     7
 -5.4937800065021525E-01 a      1088     0    61     1     8
 -4.8084780276027661E-01 a      1089     0    61     1     9
  2.1240450071956358E+00 a      1090     0    61     1    10
 -2.4960815418803092E-01 a      1091     0    61     1    11
  1.0443412101162421E+00 a      1092     0    61     1    12
  1.8051582480925903E+00 a      1093     0    61     1    13
  3.0072614889961219E-01 a      1094     0    61     1    14
 -1.1628877419508612E+00 a      1095     0    61     1    15
 -1.8878328207294165E-01 a      1096     0    61     1    16
  4.4438571335168547E-01 a      1097     0    61     1    17
  1.3877804460499767E+00 a      1098     0    61     1    18
  8.7843982450437363E-01 a      1099     0    62     1     1
 -9.8376642631921718E-01 a      1100     0    62     1     2
  4.8932149253518729E+00 a      1101     0    62     1     3
 -1.9632054735823161E+00 a      1102     0    62     1     4
  2.8691056872603338E+00 a      1103     0    62     1     5
  1.2567815910845978E-01 a      1104     0    62     1     6
  8.6470737474121417E+00 a      1105     0    62     1     7
 -9.1405853664784487E-01 a      1106     0    62     1     8
 -4.0106990510760117E+00 a      1107     0    62     1     9
  2.1727509059632433E+00 a      1108     0    62     1    10
 -2.5187626412898010E+00 a      1109     0    62     1    11
  2.9724929142970837E+00 a      1110     0    62     1    12
 -3.0240793542947011E+00 a      1111     0    62     1    13
  4.8508093406763670E+00 a      1112     0    62     1    14
  4.4727117081000269E+00 a      1113     0    62     1    15
  4.5026538336340467E+00 a      1114     0    62     1    16
  9.0092248950004961E-01 a      1115     0    62     1    17
  1.2967330118911480E+00 a      1116     0    62     1    18
 -1.7370938432911081E+00 a      1117     0    63     1     1
  1.5731879118827456E+00 a      1118     0    63     1     2
  2.2373484126871848E-01 a      1119     0    63     1     3
 -1.7216514355140624E+00 a      1120     0    63     1     4
  1.0118275524603988E+00 a      1121     0    63     1     5
 -6.0708959454821310E+00 a      1122     0    63     1     6
 -1.3898137225632945E+00 a      1123     0    63     1     7
  2.4577599780621417E+00 a      1124     0    63     1     8
  1.0402714849834447E+00 a      1125     0    63     1     9
  3.5124750015213541E-01 a      1126     0    63     1    10
  2.5799459808357281E+00 a      1127     0    63     1    11
  1.3812849441039107E-01 a      1128     0    63     1    12
 -1.1165283605875413E+00 a      1129     0    63     1    13
 -6.7557145924625761E-01 a      1130     0    63     1    14
 -4.5831079780022792E+00 a      1131     0    63     1    15
 -2.1591049709840298E+00 a      1132     0    63     1    16
 -1.1381772913629324E+00 a      1133     0    63     1    17
 -1.8849157873340772E+00 a      1134     0    63     1    18
  3.2327278037741749E+00 a      1135     0    64     1     1
  7.0448846266767919E+00 a      1136     0    64     1     2
  3.4729731306200957E+00 a      1137     0    64     1     3
 -3.4781084545003433E+00 a      1138     0    64     1     4
 -5.0801180533317936E-01 a      1139     0    64     1     5
 -1.2021225167397285E+01 a      1140     0    64     1     6
  4.2594303844441370E+00 a      1141     0    64     1     7
  4.1627628644811878E+00 a      1142     0    64     1     8
  1.9805403514942725E+00 a      1143     0    64     1     9
 -3.0442522359131083E+00 a      1144     0    64     1    10
  6.2456420299610622E+00 a      1145     0    64     1    11
 -1.5694402762364268E+00 a      1146     0    64     1    12
  4.6248406850603074E-01 a      1147     0    64     1    13
 -4.1228047686917506E+00 a      1148     0    64     1    14
 -9.2712440255993211E+00 a      1149     0    64     1    15
  1.8544001916246911E-01 a      1150     0    64     1    16
  9.3943037385847028E-01 a      1151     0    64     1    17
 -4.1606583216583006E+00 a      1152     0    64     1    18
  4.5924713240368031E-01 b      1153     1     1
  5.1580033713051321E-01 b      1154     1     2
  2.0643984369155094E-01 b      1155     1     3
  6.8942288248335737E-01 b      1156     1     4
 -1.2872423828120358E-01 b      1157     1     5
  2.1809858678666694E-01 b      1158     1     6
 -3.9969242764233714E-01 b      1159     1     7
  1.5919384686422874E-01 b      1160     1     8
  3.1191594487954494E-01 b      1161     1     9
  3.3322981549705527E-01 b      1162     1    10
  1.5393355807107631E-01 b      1163     1    11
  4.1927066948882252E-01 b      1164     1    12
 -1.0422759177436634E-01 b      1165     1    13
  1.9355932129673906E-01 b      1166     1    14
  2.1843482788751456E-01 b      1167     1    15
  1.6128786084400876E-01 b      1168     1    16
  3.1350087140754518E-01 b      1169     1    17
  1.1627473375712762E-01 b      1170     1    18
 -1.5680090466663224E-01 a      1171     1     1     2     1
  5.9689374055465684E-02 a      1172     1     1     2     2
  2.8518294698569402E-01 a      1173     1     1     2     3
 -1.1901982542415315E-01 a      1174     1     1     2     4
 -1.0050011011773589E-01 a      1175     1     1     2     5
  6.1803119677546658E-01 a      1176     1     1     2     6
  1.8526471130325103E-01 a      1177     1     1     2     7
 -7.4779705339898161E-01 a      1178     1     1     2     8
  7.9545140233873757E-01 a      1179     1     1     2     9
  3.4015202885646523E-01 a      1180     1     1     2    10
  1.5294334045258399E-02 a      1181     1     1     2    11
 -7.9801700025347289E-01 a      1182     1     1     2    12
  4.1667869506642929E-01 a      1183     1     1     2    13
 -3.1836520969155724E-01 a      1184     1     1     2    14
  5.7613307865550456E-01 a      1185     1     1     2    15
 -1.1742287649804214E-01 a      1186     1     1     2    16
  3.0064776278077676E-01 a      1187     1     1     2    17
  6.9882365173929128E-01 a      1188     1     1     2    18
 -5.9509721635752133E-01 a      1189     1     2     2     1
  1.5151879311553454E-01 a      1190     1     2     2     2
  1.9098397419286586E+00 a      1191     1     2     2     3
 -3.2215964569900407E-01 a      1192     1     2     2     4
  1.8296130380959399E-01 a      1193     1     2     2     5
 -6.0731781858665790E-01 a      1194     1     2     2     6
 -1.0777690806939200E+00 a      1195     1     2     2     7
 -8.4159847797368348E-01 a      1196     1     2     2     8
  9.5108363594320611E-01 a      1197     1     2     2     9
 -2.1417390031561637E-01 a      1198     1     2     2    10
  2.5595865281840902E-01 a      1199     1     2     2    11
 -4.3146512803022008E-01 a      1200     1     2     2    12
 -2.5494156666018269E-01 a      1201     1     2     2    13
 -3.0829371394220412E-01 a      1202     1     2     2    14
  2.7235489781319194E-01 a      1203     1     2     2    15
 -9.0433380276910347E-01 a      1204     1     2     2    16
 -2.2005921723922553E-01 a      1205     1     2     2    17
 -2.8051332410093072E-01 a      1206     1     2     2    18
  8.7260168939909399E-02 a      1207     1     3     2     1
 -6.1228244234774787E-01 a      1208     1     3     2     2
 -1.4225244391052827E+00 a      1209     1     3     2     3
 -1.0204251651768448E+00 a      1210     1     3     2     4
 -1.2428925520098415E+00 a      1211     1     3     2     5
 -4.7121888070815421E-01 a      1212     1     3     2     6
  1.0643214417574526E-01 a      1213     1     3     2     7
  1.3348482986984772E-01 a      1214     1     3     2     8
  1.2567348289667712E-01 a      1215     1     3     2     9
  8.8644813355171348E-01 a      1216     1     3     2    10
  6.4714602575631019E-01 a      1217     1     3     2    11
 -1.6005440066845245E+00 a      1218     1     3     2    12
 -1.2141460147239116E+00 a      1219     1     3     2    13
  5.4745431099534669E-01 a      1220     1     3     2    14
 -6.4801727737076331E-01 a      1221     1     3     2    15
 -5.1329222288330478E-01 a      1222     1     3     2    16
  8.2291896154953925E-01 a      1223     1     3     2    17
 -4.7731580632497805E-01 a      1224     1     3     2    18
 -9.6187008290222842E-01 a      1225     1     4     2     1
  4.9697863318733870E-01 a      1226     1     4     2     2
 -6.1216511755620207E-02 a      1227     1     4     2     3
  1.1775849320476733E-01 a      1228     1     4     2     4
 -7.2823896315437744E-02 a      1229     1     4     2     5
 -3.8883407522715524E-01 a      1230     1     4     2     6
  9.5712175005386355E-02 a      1231     1     4     2     7
 -8.4406701844935994E-01 a      1232     1     4     2     8
  6.8514365307043323E-01 a      1233     1     4     2     9
  2.5679820574784534E-01 a      1234     1     4     2    10
 -7.1591244329564396E-01 a      1235     1     4     2    11
  6.7185092190280471E-01 a      1236     1     4     2    12
  7.5015577601863692E-01 a      1237     1     4     2    13
 -1.4255819325000700E+00 a      1238     1     4     2    14
  8.2379043974283772E-01 a      1239     1     4     2    15
  1.5021637250109265E-01 a      1240     1     4     2    16
 -4.7183739833172983E-01 a      1241     1     4     2    17
 -1.4753440265937181E+00 a      1242     1     4     2    18
  3.7492565978772796E-01 a      1243     1     5     2     1
 -2.5831996460885015E-01 a      1244     1     5     2     2
 -4.0076666243106074E-02 a      1245     1     5     2     3
 -1.8013041232627489E-01 a      1246     1     5     2     4
 -5.6645308299662400E-01 a      1247     1     5     2     5
 -7.9042051291623383E-01 a      1248     1     5     2     6
  6.5078728754614190E-01 a      1249     1     5     2     7
  9.9790629243148424E-02 a      1250     1     5     2     8
 -6.9068803582785288E-01 a      1251     1     5     2     9
  5.8120379450267656E-01 a      1252     1     5     2    10
 -5.2760666390877842E-01 a      1253     1     5     2    11
  5.0647047820169377E-01 a      1254     1     5     2    12
 -3.4087573186333037E-01 a      1255     1     5     2    13
  2.4797830434642337E-01 a      1256     1     5     2    14
 -1.5056709690852701E-01 a      1257     1     5     2    15
  4.5540208900032120E-01 a      1258     1     5     2    16
  1.6917723433001894E-02 a      1259     1     5     2    17
 -2.2319729498224833E-01 a      1260     1     5     2    18
 -3.4080729569683899E-01 a      1261     1     6     2     1
  7.9081089858725329E-01 a      1262     1     6     2     2
 -5.9770046095303297E-01 a      1263     1     6     2     3
 -2.5785267948139329E-01 a      1264     1     6     2     4
  7.3524626241509561E-01 a      1265     1     6     2     5
 -6.1353891829770746E-01 a      1266     1     6     2     6
  3.0433397790485056E-01 a      1267     1     6     2     7
  3.0018367881784241E-01 a      1268     1     6     2     8
  7.9971056841284216E-01 a      1269     1     6     2     9
 -6.3769392497908681E-02 a      1270     1     6     2    10
  9.4129335902061595E-01 a      1271     1     6     2    11
 -1.0384650886905566E-01 a      1272     1     6     2    12
 -6.6031897273072493E-01 a      1273     1     6     2    13
  2.9490359666397309E-01 a      1274     1     6     2    14
 -2.2006666278138887E-01 a      1275     1     6     2    15
  7.1034308975661065E-01 a      1276     1     6     2    16
 -4.8697308361593783E-01 a      1277     1     6     2    17
  1.8374864033982657E-01 a      1278     1     6     2    18
  9.4937753910572326E-02 a      1279     1     7     2     1
  5.3331525124997103E-01 a      1280     1     7     2     2
 -5.2699059129528458E-01 a      1281     1     7     2     3
  1.5413604060367089E-01 a      1282     1     7     2     4
 -3.2661287704799473E-02 a      1283     1     7     2     5
  3.2764477527044616E-01 a      1284     1     7     2     6
 -1.3239794151009099E-01 a      1285     1     7     2     7
 -7.8478005236020443E-02 a      1286     1     7     2     8
  7.0068790617355414E-01 a      1287     1     7     2     9
 -7.9044963832487682E-04 a      1288     1     7     2    10
 -3.2151816000888456E-01 a      1289     1     7     2    11
  4.3174056083438739E-01 a      1290     1     7     2    12
  3.8068850107430852E-01 a      1291     1     7     2    13
  4.1533626632822468E-01 a      1292     1     7     2    14
  2.2038846641632204E-01 a      1293     1     7     2    15
 -9.1356126258815090E-02 a      1294     1     7     2    16
 -1.8095067762444803E-01 a      1295     1     7     2    17
 -6.9110504121449572E-03 a      1296     1     7     2    18
  1.0342479343967446E+00 a      1297     1     8     2     1
  1.1660996566016921E-01 a      1298     1     8     2     2
 -1.8567915401762425E+00 a      1299     1     8     2     3
  1.8694526014085533E-01 a      1300     1     8     2     4
  1.6856778315968182E+00 a      1301     1     8     2     5
  1.8964789894690598E-01 a      1302     1     8     2     6
  2.1336094555595225E-01 a      1303     1     8     2     7
 -1.6417294109869280E+00 a      1304     1     8     2     8
 -4.1057189791261423E-01 a      1305     1     8     2     9
 -1.5353449616095589E+00 a      1306     1     8     2    10
 -8.7453819894375429E-01 a      1307     1     8     2    11
  1.2263028194670267E+00 a      1308     1     8     2    12
  1.3532528233822290E+00 a      1309     1     8     2    13
  9.6531680896955396E-01 a      1310     1     8     2    14
  1.4997095085609236E+00 a      1311     1     8     2    15
  4.7154655249254435E-01 a      1312     1     8     2    16
 -1.0722947758092056E+00 a      1313     1     8     2    17
 -4.9488608163391645E-01 a      1314     1     8     2    18
 -7.4975625248053443E-02 a      1315     1     9     2     1
 -1.0920299903474358E+00 a      1316     1     9     2     2
 -5.8773752898004950E-01 a      1317     1     9     2     3
  4.3791177652029634E-01 a      1318     1     9     2     4
 -1.2994275158749113E-01 a      1319     1     9     2     5
  9.9199852042565606E-01 a      1320     1     9     2     6
  5.3568442404499497E-02 a      1321     1     9     2     7
  2.1772379524889178E+00 a      1322     1     9     2     8
 -3.9838154524432251E-01 a      1323     1     9     2     9
  8.4989435454715212E-01 a      1324     1     9     2    10
 -7.8273115769378718E-02 a      1325     1     9     2    11
 -7.0647740620920829E-01 a      1326     1     9     2    12
 -1.0977859792244693E+00 a      1327     1     9     2    13
  4.4675532472403356E-01 a      1328     1     9     2    14
 -1.6992186988979747E+00 a      1329     1     9     2    15
 -1.0257847634611881E-04 a      1330     1     9     2    16
  1.3069445932954316E+00 a      1331     1     9     2    17
  9.8570859923590148E-01 a      1332     1     9     2    18
 -3.8407318552250819E-01 a      1333     1    10     2     1
 -7.3077380916719724E-03 a      1334     1    10     2     2
  1.0438518911376435E-02 a      1335     1    10     2     3
  1.0255811994278297E+00 a      1336     1    10     2     4
  7.6356285409330138E-01 a      1337     1    10     2     5
  7.0246521096874881E-01 a      1338     1    10     2     6
 -5.1439736152687998E-01 a      1339     1    10     2     7
 -9.1404097112594551E-01 a      1340     1    10     2     8
  5.2992100149116352E-02 a      1341     1    10     2     9
 -9.6226316681825852E-01 a      1342     1    10     2    10
 -3.7999907391704407E-01 a      1343     1    10     2    11
  1.3881764631587861E+00 a      1344     1    10     2    12
  2.0615590366912357E+00 a      1345     1    10     2    13
 -9.6082535290167104E-01 a      1346     1    10     2    14
  1.5155201794446278E+00 a      1347     1    10     2    15
  3.1018688615811285E-01 a      1348     1    10     2    16
 -8.0376377524434628E-01 a      1349     1    10     2    17
  9.5423988375382340E-01 a      1350     1    10     2    18
  8.1169437274183043E-01 a      1351     1    11     2     1
 -6.0730958919867212E-02 a      1352     1    11     2     2
 -7.0732997426289324E-01 a      1353     1    11     2     3
 -3.0494947162701247E-01 a      1354     1    11     2     4
  1.4304730360664699E+00 a      1355     1    11     2     5
  2.4498799598554422E-01 a      1356     1    11     2     6
  5.4742642361537974E-01 a      1357     1    11     2     7
  8.3756190217585569E-02 a      1358     1    11     2     8
 -4.3619752646099041E-01 a      1359     1    11     2     9
  2.1973764509010195E-02 a      1360     1    11     2    10
 -4.8185392408638900E-01 a      1361     1    11     2    11
 -6.7244820718702625E-01 a      1362     1    11     2    12
  7.1328147477866005E-02 a      1363     1    11     2    13
  1.2295502305669914E+00 a      1364     1    11     2    14
  1.6910806442279394E-01 a      1365     1    11     2    15
  2.3792401722483730E-01 a      1366     1    11     2    16
  2.5916137593111860E-01 a      1367     1    11     2    17
  1.7136362008150572E+00 a      1368     1    11     2    18
 -1.4411527536985466E-01 a      1369     1    12     2     1
 -7.4899524926134298E-01 a      1370     1    12     2     2
 -1.4573421092768917E+00 a      1371     1    12     2     3
 -1.4214868261576197E-01 a      1372     1    12     2     4
  6.6860320588121502E-01 a      1373     1    12     2     5
  6.9504405682634995E-01 a      1374     1    12     2     6
 -4.6072823376659594E-01 a      1375     1    12     2     7
 -3.6072296748305838E-01 a      1376     1    12     2     8
 -3.2006160145351104E-01 a      1377     1    12     2     9
 -9.8225649972303197E-01 a      1378     1    12     2    10
 -7.2453352677391558E-01 a      1379     1    12     2    11
  7.5369609316374975E-01 a      1380     1    12     2    12
  1.1836962743783461E+00 a      1381     1    12     2    13
 -4.4322503374860389E-01 a      1382     1    12     2    14
  4.8812119749822724E-01 a      1383     1    12     2    15
  4.4057072194062082E-02 a      1384     1    12     2    16
 -2.4182875479206972E-01 a      1385     1    12     2    17
 -1.9803980160949977E+00 a      1386     1    12     2    18
  7.0076734712852817E-01 a      1387     1    13     2     1
  7.1040493527712634E-01 a      1388     1    13     2     2
 -7.0618092222824047E-01 a      1389     1    13     2     3
  4.8614862105247472E-02 a      1390     1    13     2     4
  4.0630431755043767E-01 a      1391     1    13     2     5
  8.9130706283776706E-01 a      1392     1    13     2     6
  8.3992522306783968E-01 a      1393     1    13     2     7
  7.3480127432775011E-01 a      1394     1    13     2     8
 -1.6110066796869156E+00 a      1395     1    13     2     9
 -6.6306774543121250E-01 a      1396     1    13     2    10
 -3.1773268590555265E-01 a      1397     1    13     2    11
 -2.9141364084030674E-01 a      1398     1    13     2    12
  7.1643754913403834E-01 a      1399     1    13     2    13
 -2.4090981487765303E-01 a      1400     1    13     2    14
 -7.2065184143309785E-02 a      1401     1    13     2    15
  2.2507912146616482E-01 a      1402     1    13     2    16
 -4.7548611327293633E-01 a      1403     1    13     2    17
  8.4825025434636159E-01 a      1404     1    13     2    18
 -1.7361102668046419E-01 a      1405     1    14     2     1
  2.4024177274394828E-01 a      1406     1    14     2     2
 -1.0910709239582117E+00 a      1407     1    14     2     3
 -2.7602191496454415E-01 a      1408     1    14     2     4
  3.7019444829117321E-01 a      1409     1    14     2     5
  7.8556026627210427E-03 a      1410     1    14     2     6
 -2.7658185734751634E-01 a      1411     1    14     2     7
 -5.3199757665457204E-01 a      1412     1    14     2     8
 -7.0617022465263979E-01 a      1413     1    14     2     9
 -6.4273009400723902E-01 a      1414     1    14     2    10
 -1.1197298077358990E+00 a      1415     1    14     2    11
  1.8096582257855498E-01 a      1416     1    14     2    12
  7.2032750890366959E-01 a      1417     1    14     2    13
 -1.7555348618687316E-01 a      1418     1    14     2    14
  5.2582050219365861E-01 a      1419     1    14     2    15
 -4.0257560566962380E-01 a      1420     1    14     2    16
 -2.5088269436675315E-01 a      1421     1    14     2    17
 -2.5381658103631272E-01 a      1422     1    14     2    18
  2.0064006581424959E-01 a      1423     1    15     2     1
 -1.9789622927752390E-01 a      1424     1    15     2     2
  4.8041326142714919E-01 a      1425     1    15     2     3
 -1.0865990866517267E-01 a      1426     1    15     2     4
  7.1138142213230138E-01 a      1427     1    15     2     5
  7.2381902508773444E-01 a      1428     1    15     2     6
 -9.0862672038837147E-02 a      1429     1    15     2     7
 -9.6495487688468418E-01 a      1430     1    15     2     8
 -1.0961616881097531E-01 a      1431     1    15     2     9
 -2.1183030046878190E-01 a      1432     1    15     2    10
 -9.2974212696280278E-01 a      1433     1    15     2    11
 -4.7237894430809246E-01 a      1434     1    15     2    12
  9.8737682147968808E-01 a      1435     1    15     2    13
  4.5042633473438752E-02 a      1436     1    15     2    14
  8.9937853177591398E-01 a      1437     1    15     2    15
 -4.7920538094668180E-01 a      1438     1    15     2    16
  7.9349285328158825E-02 a      1439     1    15     2    17
  2.0322342558831696E+00 a      1440     1    15     2    18
  1.9796517612761247E-01 a      1441     1    16     2     1
 -3.7282645530916331E-01 a      1442     1    16     2     2
  6.3454705309478321E-01 a      1443     1    16     2     3
  1.5642524486163445E-01 a      1444     1    16     2     4
  7.2945025610616920E-01 a      1445     1    16     2     5
  3.2926131418941562E-01 a      1446     1    16     2     6
  1.9280412705593614E-01 a      1447     1    16     2     7
  1.3235476586170691E+00 a      1448     1    16     2     8
 -2.4926275570313686E-02 a      1449     1    16     2     9
  8.2385143531041660E-01 a      1450     1    16     2    10
  2.1062124715104488E-01 a      1451     1    16     2    11
  3.8398020625879653E-01 a      1452     1    16     2    12
 -5.9098178251042344E-01 a      1453     1    16     2    13
 -2.2270279662781686E-01 a      1454     1    16     2    14
 -9.7244989603964094E-01 a      1455     1    16     2    15
  4.0330326253816645E-01 a      1456     1    16     2    16
  2.7567875460680180E-01 a      1457     1    16     2    17
 -1.7328579766516723E+00 a      1458     1    16     2    18
 -2.9234024239689305E-01 a      1459     1    17     2     1
 -4.0118900332889273E-01 a      1460     1    17     2     2
 -1.9343734806998497E-01 a      1461     1    17     2     3
 -1.5691682058169057E-01 a      1462     1    17     2     4
 -4.8951263796988270E-01 a      1463     1    17     2     5
  2.7225309620658505E-01 a      1464     1    17     2     6
 -7.9325380534230494E-01 a      1465     1    17     2     7
 -1.4987677547742475E+00 a      1466     1    17     2     8
  2.9864316298465582E-01 a      1467     1    17     2     9
 -8.8795117367659493E-01 a      1468     1    17     2    10
 -1.8815623759818437E-01 a      1469     1    17     2    11
 -4.3525583351926075E-03 a      1470     1    17     2    12
  1.4109810545628676E+00 a      1471     1    17     2    13
 -2.3930549514865834E-01 a      1472     1    17     2    14
  1.4579288316457555E+00 a      1473     1    17     2    15
 -7.2194865517947004E-01 a      1474     1    17     2    16
 -1.5010102061509112E-01 a      1475     1    17     2    17
  1.8868198182719274E+00 a      1476     1    17     2    18
  3.0486599349373106E-01 a      1477     1    18     2     1
  6.6977362609047297E-01 a      1478     1    18     2     2
 -7.8432301939727933E-01 a      1479     1    18     2     3
  7.1640954473644536E-01 a      1480     1    18     2     4
 -8.9242218219378167E-01 a      1481     1    18     2     5
 -3.4303921439624949E-02 a      1482     1    18     2     6
  9.5438674416127722E-01 a      1483     1    18     2     7
  9.1296847625209354E-01 a      1484     1    18     2     8
 -1.8646102110582477E-01 a      1485     1    18     2     9
  9.7218917928818616E-01 a      1486     1    18     2    10
  2.2582433216787204E-01 a      1487     1    18     2    11
 -1.3701873197301753E-01 a      1488     1    18     2    12
 -1.7234548318725420E+00 a      1489     1    18     2    13
  2.0709219524881534E-01 a      1490     1    18     2    14
 -1.8406219831234643E+00 a      1491     1    18     2    15
  3.5665645731716633E-01 a      1492     1    18     2    16
  4.3346543819269773E-01 a      1493     1    18     2    17
 -8.4697903514611372E-01 a      1494     1    18     2    18
 -6.7176346561001399E-01 b      1495     2     1
 -7.7196125584102615E-01 b      1496     2     2
  1.3030169589149005E+00 b      1497     2     3
 -2.1138770398856370E+00 b      1498     2     4
 -2.4843973046203414E+00 b      1499     2     5
  5.8965471270720871E-01 b      1500     2     6
 -7.1745591927206631E-01 b      1501     2     7
  8.4961810049422892E-01 b      1502     2     8
  2.1381049683892304E+00 b      1503     2     9
  1.7922431173662692E+00 b      1504     2    10
  1.5917101791680415E+00 b      1505     2    11
 -1.2781715659833621E+00 b      1506     2    12
 -1.0529504694404812E+00 b      1507     2    13
 -2.4121956480795812E+00 b      1508     2    14
 -9.5377001067395173E-01 b      1509     2    15
 -9.7883133655920029E-01 b      1510     2    16
  7.6501916756193966E-01 b      1511     2    17
 -1.3079030659285438E+00 b      1512     2    18
 -5.3741218241333644E-01 a      1513     2     1     3     1
  2.1957056623320373E-01 a      1514     2     2     3     1
 -1.5004784089017445E-01 a      1515     2     3     3     1
 -5.8599868642076680E-01 a      1516     2     4     3     1
 -6.9362844837711379E-02 a      1517     2     5     3     1
  4.3539298276814675E-01 a      1518     2     6     3     1
 -4.5898542623097266E-01 a      1519     2     7     3     1
 -1.9563152794277275E-01 a      1520     2     8     3     1
 -2.6206993667816986E-01 a      1521     2     9     3     1
  2.6398597549747826E-01 a      1522     2    10     3     1
 -1.2785274185729945E-01 a      1523     2    11     3     1
  2.3101813745705821E-01 a      1524     2    12     3     1
 -5.7273057235980507E-01 a      1525     2    13     3     1
  9.1824951578198999E-01 a      1526     2    14     3     1
  5.1503672016127966E-01 a      1527     2    15     3     1
  4.6393964082511752E-01 a      1528     2    16     3     1
 -4.2453057272845290E-01 a      1529     2    17     3     1
 -1.1788488461746878E-02 a      1530     2    18     3     1
  1.0020535302105391E-01 b      1531     3     1
