################################################################################
# Neural network connection values (weights and biases).
################################################################################
# Col  Name       Description
################################################################################
# 1    connection Neural network connection value.
# 2    t          Connection type (a = weight, b = bias).
# 3    index      Index enumerating weights.
# 4    l_s        Starting point layer (end point layer for biases).
# 5    n_s        Starting point neuron in starting layer (end point neuron for biases).
# 6    l_e        End point layer.
# 7    n_e        End point neuron in end layer.
################################################################################
#                      1 2         3     4     5     6     7
#             connection t     index   l_s   n_s   l_e   n_e
############################################################
  1.0179701247317927E+00 a         1     0     1     1     1
  2.2935769756878259E+00 a         2     0     1     1     2
  6.3690761399161813E-02 a         3     0     1     1     3
 -4.5863595093502569E+00 a         4     0     1     1     4
 -2.4577664720665311E+00 a         5     0     1     1     5
 -4.3723619438893682E+00 a         6     0     1     1     6
 -1.7856616908400147E+00 a         7     0     1     1     7
 -2.0987035892251917E+00 a         8     0     1     1     8
  1.3566417464711338E+00 a         9     0     1     1     9
  1.9311282140010635E+00 a        10     0     1     1    10
  8.7382060887821777E-01 a        11     0     1     1    11
  5.5600052750757079E-01 a        12     0     1     1    12
 -2.1176204163893573E+00 a        13     0     1     1    13
 -2.0386154900425359E+00 a        14     0     1     1    14
  3.3596363759365815E+00 a        15     0     1     1    15
  4.5351445012731723E-01 a        16     0     1     1    16
  6.0958272055939200E-01 a        17     0     1     1    17
  7.5138110539702230E-01 a        18     0     1     1    18
 -4.2608116412933885E+00 a        19     0     2     1     1
  4.0035852329665017E-01 a        20     0     2     1     2
 -2.9491652824685821E+00 a        21     0     2     1     3
  8.2892828712229250E-01 a        22     0     2     1     4
 -2.3590901261349101E-01 a        23     0     2     1     5
 -2.7380595009640105E+00 a        24     0     2     1     6
  3.4531520998040088E-01 a        25     0     2     1     7
 -2.6317304785161717E+00 a        26     0     2     1     8
 -1.8570100767873599E-01 a        27     0     2     1     9
 -3.2164220022900407E+00 a        28     0     2     1    10
 -3.6490810883935615E-01 a        29     0     2     1    11
  1.1171604004261035E+00 a        30     0     2     1    12
 -1.9731779439171997E+00 a        31     0     2     1    13
 -3.5923798326112488E-01 a        32     0     2     1    14
 -2.3209916848384932E-01 a        33     0     2     1    15
 -4.4815009785751958E-01 a        34     0     2     1    16
  5.6126880953004781E+00 a        35     0     2     1    17
  1.3264350756384731E+00 a        36     0     2     1    18
 -1.8476187659762227E+00 a        37     0     3     1     1
 -2.9394609000188168E+00 a        38     0     3     1     2
 -1.2034251786420811E+00 a        39     0     3     1     3
  3.6084176904714753E+00 a        40     0     3     1     4
  1.0354967958651788E+00 a        41     0     3     1     5
  2.6254358664298283E-01 a        42     0     3     1     6
 -1.8507129771514115E+00 a        43     0     3     1     7
 -5.5132808404216558E+00 a        44     0     3     1     8
 -2.4182691740015416E+00 a        45     0     3     1     9
 -1.5062764944467104E+00 a        46     0     3     1    10
  2.3941626499192155E+00 a        47     0     3     1    11
 -5.8263178292080309E-01 a        48     0     3     1    12
 -3.1018007938935238E-01 a        49     0     3     1    13
  3.5876119731690315E-01 a        50     0     3     1    14
 -9.9105904469183392E-01 a        51     0     3     1    15
 -1.9852373444076161E+00 a        52     0     3     1    16
  7.0908770636020546E-01 a        53     0     3     1    17
 -4.2631416898846917E+00 a        54     0     3     1    18
  1.2618130897642450E+00 a        55     0     4     1     1
  5.7530822741944254E+00 a        56     0     4     1     2
 -2.0357127550302279E+00 a        57     0     4     1     3
 -3.8801846136102141E+00 a        58     0     4     1     4
  1.2916760627605113E+00 a        59     0     4     1     5
 -3.6087772711123378E+00 a        60     0     4     1     6
  5.8287072990288832E-02 a        61     0     4     1     7
  5.1407988993861089E+00 a        62     0     4     1     8
  1.0289246005135706E+00 a        63     0     4     1     9
  5.3329387103225390E+00 a        64     0     4     1    10
 -2.4451403127507976E+00 a        65     0     4     1    11
  5.4888963285274217E-01 a        66     0     4     1    12
 -3.1415395993040618E-01 a        67     0     4     1    13
 -2.7785842206500022E+00 a        68     0     4     1    14
  2.8205118130825579E+00 a        69     0     4     1    15
 -9.7186569572954307E-01 a        70     0     4     1    16
  1.4685217304849942E+00 a        71     0     4     1    17
  4.7628725837399832E+00 a        72     0     4     1    18
 -1.2352712608812551E+00 a        73     0     5     1     1
 -1.1301789391077302E+00 a        74     0     5     1     2
  6.4944767600602069E-02 a        75     0     5     1     3
  1.0528486465464524E+00 a        76     0     5     1     4
  1.5247291380654622E+00 a        77     0     5     1     5
  4.5566772355557350E-01 a        78     0     5     1     6
 -4.3236789405232856E-01 a        79     0     5     1     7
  1.1152498375170858E+00 a        80     0     5     1     8
 -2.3420582469663596E+00 a        81     0     5     1     9
 -3.9732590936262085E-01 a        82     0     5     1    10
 -7.7058092560424740E-01 a        83     0     5     1    11
  1.3645294543936048E-01 a        84     0     5     1    12
  7.8208192168611379E-01 a        85     0     5     1    13
  1.7246251520717764E+00 a        86     0     5     1    14
 -3.3674242794637546E+00 a        87     0     5     1    15
 -1.8643330005067205E+00 a        88     0     5     1    16
  1.2787819704025309E+00 a        89     0     5     1    17
 -1.8803290062651563E+00 a        90     0     5     1    18
  3.3463139391111412E+00 a        91     0     6     1     1
 -6.5689718040196410E-01 a        92     0     6     1     2
  3.1965305493524132E-01 a        93     0     6     1     3
 -1.0110760364441338E+00 a        94     0     6     1     4
  1.1773244130405898E+00 a        95     0     6     1     5
  1.6875144148910612E+00 a        96     0     6     1     6
 -1.6211740437001692E+00 a        97     0     6     1     7
  1.3635116784699610E+00 a        98     0     6     1     8
  1.1899944011502785E-01 a        99     0     6     1     9
  1.1600109566886705E+00 a       100     0     6     1    10
 -1.8780442043223727E-01 a       101     0     6     1    11
  3.8192088678937880E-01 a       102     0     6     1    12
 -8.8046435449008098E-01 a       103     0     6     1    13
  6.4298186676864100E-01 a       104     0     6     1    14
 -2.1459554732941872E+00 a       105     0     6     1    15
 -1.4693579310879115E+00 a       106     0     6     1    16
  1.7786236888280942E-02 a       107     0     6     1    17
  6.6842792383155913E-01 a       108     0     6     1    18
  5.8469071940602080E-01 a       109     0     7     1     1
 -4.4442052839433108E+00 a       110     0     7     1     2
  2.1251587250519823E+00 a       111     0     7     1     3
 -2.7049416901431362E+00 a       112     0     7     1     4
 -3.1285461285690994E+00 a       113     0     7     1     5
  1.2827870339476248E+00 a       114     0     7     1     6
 -9.2102769619666591E-01 a       115     0     7     1     7
 -2.6884768877856606E+00 a       116     0     7     1     8
  3.0269326491346599E-01 a       117     0     7     1     9
 -5.8912364684360705E+00 a       118     0     7     1    10
  1.5283039639024659E-01 a       119     0     7     1    11
 -2.3940235577088118E+00 a       120     0     7     1    12
 -1.6998777202025022E+00 a       121     0     7     1    13
  4.6111950401373587E+00 a       122     0     7     1    14
  1.9493798050635083E+00 a       123     0     7     1    15
  6.2648553952073733E+00 a       124     0     7     1    16
 -2.2499124284343170E+00 a       125     0     7     1    17
  2.1540745621266013E+00 a       126     0     7     1    18
 -5.1571277160341392E-02 a       127     0     8     1     1
  9.2814739464497165E-01 a       128     0     8     1     2
 -1.6125076909115803E+00 a       129     0     8     1     3
  3.0769080046728057E+00 a       130     0     8     1     4
  2.8245692922083370E+00 a       131     0     8     1     5
 -3.2491298177563838E-01 a       132     0     8     1     6
 -1.1131374287918896E+00 a       133     0     8     1     7
  9.7105945274525596E-01 a       134     0     8     1     8
 -1.7754787482990408E+00 a       135     0     8     1     9
  1.4094703566590168E+00 a       136     0     8     1    10
 -8.3193555478300019E-01 a       137     0     8     1    11
  2.9840958355983229E+00 a       138     0     8     1    12
 -9.8821230347175204E-01 a       139     0     8     1    13
 -1.5690368091238505E+00 a       140     0     8     1    14
 -3.4233057879539732E+00 a       141     0     8     1    15
 -4.5150519984319057E+00 a       142     0     8     1    16
  3.6389464681750749E-01 a       143     0     8     1    17
 -3.9243715076123458E+00 a       144     0     8     1    18
 -4.1530098518115954E+00 a       145     0     9     1     1
 -1.9964574709213114E+00 a       146     0     9     1     2
 -3.5823231314791149E+00 a       147     0     9     1     3
  3.8174098131359524E+00 a       148     0     9     1     4
  2.6195962208518107E+00 a       149     0     9     1     5
  2.1669567209331650E+00 a       150     0     9     1     6
  2.6796202335220731E+00 a       151     0     9     1     7
 -2.0971000227691561E+00 a       152     0     9     1     8
 -4.4405728872550112E+00 a       153     0     9     1     9
 -2.1573343948925445E+00 a       154     0     9     1    10
 -4.2552625104741404E+00 a       155     0     9     1    11
 -1.8085070270265804E+00 a       156     0     9     1    12
  1.1432618818257720E+00 a       157     0     9     1    13
  7.0744014002041833E-03 a       158     0     9     1    14
  1.0258248625076508E-01 a       159     0     9     1    15
  1.3947990096021694E+00 a       160     0     9     1    16
  2.7061728887039025E+00 a       161     0     9     1    17
 -1.1271589524101551E+00 a       162     0     9     1    18
  1.0659592075599700E+00 a       163     0    10     1     1
 -5.1244388631444193E-01 a       164     0    10     1     2
  9.1535636660855224E-01 a       165     0    10     1     3
 -5.0878344513927920E-02 a       166     0    10     1     4
 -2.1061551674713104E+00 a       167     0    10     1     5
 -6.2193819432680064E-01 a       168     0    10     1     6
  1.7885208428399531E+00 a       169     0    10     1     7
 -7.3087063091589788E-01 a       170     0    10     1     8
 -2.1296737842984554E+00 a       171     0    10     1     9
 -4.9740066664206237E+00 a       172     0    10     1    10
 -2.8723869596154925E+00 a       173     0    10     1    11
 -3.5409200195143260E+00 a       174     0    10     1    12
 -8.4933158254127883E-01 a       175     0    10     1    13
 -3.1272144377565119E+00 a       176     0    10     1    14
  1.1405966616037502E+00 a       177     0    10     1    15
  8.0307275725854854E-01 a       178     0    10     1    16
  2.8786124396870618E+00 a       179     0    10     1    17
  5.6066573143266951E-01 a       180     0    10     1    18
 -1.2647131353040411E-01 a       181     0    11     1     1
  1.2016018860318938E+00 a       182     0    11     1     2
  1.7627051451077119E-01 a       183     0    11     1     3
  1.6168555298661740E+00 a       184     0    11     1     4
 -3.3884629421805150E+00 a       185     0    11     1     5
  2.3968945961341674E+00 a       186     0    11     1     6
  2.0092019357652826E+00 a       187     0    11     1     7
  2.1053026197624698E+00 a       188     0    11     1     8
 -3.9026483360304459E-01 a       189     0    11     1     9
 -6.1888322846134418E+00 a       190     0    11     1    10
 -4.9748963682467942E+00 a       191     0    11     1    11
  7.5467363735153847E-01 a       192     0    11     1    12
 -3.7678852674293477E+00 a       193     0    11     1    13
 -1.7988902767660975E+00 a       194     0    11     1    14
 -2.1192654212839845E+00 a       195     0    11     1    15
  1.6932428692469983E+00 a       196     0    11     1    16
  4.0167738716143813E+00 a       197     0    11     1    17
  9.6454846379924386E-01 a       198     0    11     1    18
  5.6287993989897067E-01 a       199     0    12     1     1
 -2.7408168278491716E+00 a       200     0    12     1     2
  4.0708916248627786E-01 a       201     0    12     1     3
 -2.4793331976525645E+00 a       202     0    12     1     4
 -1.8093016607965946E+00 a       203     0    12     1     5
 -2.3392420629049999E+00 a       204     0    12     1     6
 -2.5117053530728617E+00 a       205     0    12     1     7
 -2.0090173611136142E+00 a       206     0    12     1     8
  1.0712920732130016E-01 a       207     0    12     1     9
  1.0830821794096115E+00 a       208     0    12     1    10
  1.3309947320981328E+00 a       209     0    12     1    11
  1.4789516695511320E+00 a       210     0    12     1    12
  9.8816835909973155E-01 a       211     0    12     1    13
 -2.6794378423582974E+00 a       212     0    12     1    14
  1.2813936256158367E+00 a       213     0    12     1    15
 -1.6479752074333669E+00 a       214     0    12     1    16
 -2.4386115688025010E+00 a       215     0    12     1    17
  1.3362656209037083E+00 a       216     0    12     1    18
 -2.0365972539450516E+00 a       217     0    13     1     1
 -9.8898257108817722E-01 a       218     0    13     1     2
 -4.8288375854313198E-01 a       219     0    13     1     3
 -4.2012143849772139E+00 a       220     0    13     1     4
 -1.0400054468280595E+00 a       221     0    13     1     5
 -1.8769503099791257E-01 a       222     0    13     1     6
 -2.0661022803760694E+00 a       223     0    13     1     7
 -6.0454164320719039E-01 a       224     0    13     1     8
  9.5170043764974643E-01 a       225     0    13     1     9
  1.4344734190195778E+00 a       226     0    13     1    10
  9.2162757922053928E-01 a       227     0    13     1    11
  1.6859590256751933E+00 a       228     0    13     1    12
  6.7458897161389031E-01 a       229     0    13     1    13
  2.0864502070148587E+00 a       230     0    13     1    14
  1.4326470553498392E+00 a       231     0    13     1    15
 -1.5170115804809208E+00 a       232     0    13     1    16
 -1.3229173115422850E+00 a       233     0    13     1    17
  2.5988163413606324E+00 a       234     0    13     1    18
  1.5207116629871698E+00 a       235     0    14     1     1
  5.7294593454473590E+00 a       236     0    14     1     2
  4.7098916695269004E+00 a       237     0    14     1     3
 -8.2363895847600943E-01 a       238     0    14     1     4
  5.6484939099668292E+00 a       239     0    14     1     5
 -7.9209572355612012E-01 a       240     0    14     1     6
 -7.9978067758465121E+00 a       241     0    14     1     7
  1.0738051234671412E+01 a       242     0    14     1     8
  4.3262560010160760E+00 a       243     0    14     1     9
  7.8008243514310183E-01 a       244     0    14     1    10
 -3.8396559305120590E+00 a       245     0    14     1    11
  2.0038328648736932E+00 a       246     0    14     1    12
 -3.0091928887668886E+00 a       247     0    14     1    13
  2.1649619358755010E+00 a       248     0    14     1    14
 -1.7592045742678848E+00 a       249     0    14     1    15
  1.8519076256723008E+00 a       250     0    14     1    16
  5.5636049731447326E+00 a       251     0    14     1    17
 -7.3007663323625849E+00 a       252     0    14     1    18
 -1.2797995047859176E-01 a       253     0    15     1     1
  2.6792432066962406E-02 a       254     0    15     1     2
  3.9177155295946930E-01 a       255     0    15     1     3
  2.1009097364071323E+00 a       256     0    15     1     4
 -3.2042549960662225E-01 a       257     0    15     1     5
 -9.0350759596269925E-02 a       258     0    15     1     6
 -5.7376766920601463E-01 a       259     0    15     1     7
  7.6101620793227376E-01 a       260     0    15     1     8
 -1.6111874643568209E+00 a       261     0    15     1     9
  1.7065887172996952E+00 a       262     0    15     1    10
  2.5704259579854853E+00 a       263     0    15     1    11
  1.4698774175894698E+00 a       264     0    15     1    12
 -2.8700481699671978E+00 a       265     0    15     1    13
 -4.0192495496873928E+00 a       266     0    15     1    14
 -1.3507200062993713E-01 a       267     0    15     1    15
  2.2072759947884641E+00 a       268     0    15     1    16
  1.3395877605096709E+00 a       269     0    15     1    17
 -1.5197125150147981E+00 a       270     0    15     1    18
 -1.4675145813939388E+00 a       271     0    16     1     1
  3.0742960609589782E+00 a       272     0    16     1     2
  2.3576115290671007E+00 a       273     0    16     1     3
  2.3229049296316155E+00 a       274     0    16     1     4
 -8.8582811998922750E-01 a       275     0    16     1     5
 -3.2928853746203512E-01 a       276     0    16     1     6
  3.2479095802493352E-01 a       277     0    16     1     7
 -1.4170146682618658E+00 a       278     0    16     1     8
  6.2603748060224673E-01 a       279     0    16     1     9
 -1.5643433967528457E+00 a       280     0    16     1    10
 -1.1760726276999305E+00 a       281     0    16     1    11
 -4.4629240776349066E-01 a       282     0    16     1    12
 -2.8127484138129439E+00 a       283     0    16     1    13
 -1.5812358955186405E+00 a       284     0    16     1    14
 -2.4490597091520701E+00 a       285     0    16     1    15
  6.7963173706764066E-02 a       286     0    16     1    16
 -9.9895321896662137E-01 a       287     0    16     1    17
  4.1553081848115294E+00 a       288     0    16     1    18
 -3.4000794470447494E-02 a       289     0    17     1     1
  5.9509698691774326E-01 a       290     0    17     1     2
  1.0436502313865434E+00 a       291     0    17     1     3
 -3.8743308333850206E+00 a       292     0    17     1     4
 -2.3830358299499399E+00 a       293     0    17     1     5
 -2.2326993889172879E+00 a       294     0    17     1     6
 -2.1636108106488141E+00 a       295     0    17     1     7
  1.7234667642658204E+00 a       296     0    17     1     8
  8.8174686095298527E-01 a       297     0    17     1     9
 -2.1785266542876474E+00 a       298     0    17     1    10
  3.9345061540869708E-01 a       299     0    17     1    11
  5.1449809067840957E-01 a       300     0    17     1    12
 -4.3105435934945346E-01 a       301     0    17     1    13
 -4.8850456532190106E-01 a       302     0    17     1    14
  1.2566544900705805E+00 a       303     0    17     1    15
 -1.8534616597469389E+00 a       304     0    17     1    16
 -2.0958878513380119E-01 a       305     0    17     1    17
  1.3134520888727212E+00 a       306     0    17     1    18
 -1.3040427340021938E+00 a       307     0    18     1     1
  3.9894544509794000E-01 a       308     0    18     1     2
 -6.4666527853289346E-01 a       309     0    18     1     3
  8.1174674846720829E-01 a       310     0    18     1     4
  2.9238979322335479E+00 a       311     0    18     1     5
  8.7902230560774952E-01 a       312     0    18     1     6
  1.6750137321256335E+00 a       313     0    18     1     7
  1.1061545204407461E+00 a       314     0    18     1     8
 -2.8597757557328551E-01 a       315     0    18     1     9
 -1.7024010024333704E+00 a       316     0    18     1    10
 -2.6306234163288171E+00 a       317     0    18     1    11
 -1.5067613035184784E+00 a       318     0    18     1    12
 -9.3101522992154795E-02 a       319     0    18     1    13
  2.0789389041761477E+00 a       320     0    18     1    14
 -8.7140032786117072E-01 a       321     0    18     1    15
 -1.4537719243795408E+00 a       322     0    18     1    16
  1.4783057913088509E+00 a       323     0    18     1    17
 -1.8220864912398695E+00 a       324     0    18     1    18
  1.1122039133634631E+00 a       325     0    19     1     1
 -1.2326948936243369E+00 a       326     0    19     1     2
 -1.2583126504148676E+00 a       327     0    19     1     3
  3.6935829937429476E-01 a       328     0    19     1     4
  5.0431961792224627E+00 a       329     0    19     1     5
 -1.0837939342433569E+00 a       330     0    19     1     6
 -1.2995096080400714E+00 a       331     0    19     1     7
  1.2221353440252107E+00 a       332     0    19     1     8
  1.6746479919219930E+00 a       333     0    19     1     9
  1.6351225939113978E+00 a       334     0    19     1    10
 -1.2969618152239526E-01 a       335     0    19     1    11
  1.9686168206176821E-01 a       336     0    19     1    12
 -1.5055015245629391E+00 a       337     0    19     1    13
  9.0802293359044095E-01 a       338     0    19     1    14
 -1.0947616738527681E+00 a       339     0    19     1    15
 -2.0591235971463031E+00 a       340     0    19     1    16
  3.5778855074679563E+00 a       341     0    19     1    17
 -6.3365122588387743E+00 a       342     0    19     1    18
 -1.3456777373056865E+00 a       343     0    20     1     1
  1.2922221451212268E+00 a       344     0    20     1     2
 -7.3949720265321006E-01 a       345     0    20     1     3
  2.5349668394173683E+00 a       346     0    20     1     4
 -2.2816845831744303E-01 a       347     0    20     1     5
  5.4347392662461080E-01 a       348     0    20     1     6
  3.3253949718166043E+00 a       349     0    20     1     7
 -1.6675126869634024E-01 a       350     0    20     1     8
 -8.0324735762993527E-01 a       351     0    20     1     9
 -2.8637764549399386E-01 a       352     0    20     1    10
 -2.3740200878071311E+00 a       353     0    20     1    11
 -4.9053200661689883E-01 a       354     0    20     1    12
 -1.1835060596217339E+00 a       355     0    20     1    13
 -2.1339248135184108E+00 a       356     0    20     1    14
 -8.1807043793638512E-01 a       357     0    20     1    15
 -8.7337704390753645E-01 a       358     0    20     1    16
  3.1171755358006675E-01 a       359     0    20     1    17
  7.2769115506229576E-01 a       360     0    20     1    18
 -3.8017847434712659E-01 a       361     0    21     1     1
  1.9515991956628342E+00 a       362     0    21     1     2
  1.3619999169000623E+00 a       363     0    21     1     3
 -8.9115018291971682E-01 a       364     0    21     1     4
  1.5574152036310196E+00 a       365     0    21     1     5
 -2.9957021771343589E-01 a       366     0    21     1     6
  3.6925172477765483E-01 a       367     0    21     1     7
 -7.3974348801273704E-01 a       368     0    21     1     8
  3.2671149678550662E+00 a       369     0    21     1     9
 -7.1759709811408867E-01 a       370     0    21     1    10
  9.5035278308566262E-01 a       371     0    21     1    11
 -2.0514038561279753E+00 a       372     0    21     1    12
  7.6219039861843485E-01 a       373     0    21     1    13
  3.6367996289171050E+00 a       374     0    21     1    14
  1.3735015208173147E+00 a       375     0    21     1    15
 -1.8823975990490629E+00 a       376     0    21     1    16
 -7.3336813478123930E-01 a       377     0    21     1    17
  1.0699603809403184E-01 a       378     0    21     1    18
 -2.2033914908863910E+00 a       379     0    22     1     1
  5.6327988477138957E-01 a       380     0    22     1     2
 -9.6703320352868849E-01 a       381     0    22     1     3
  2.3435582406691196E+00 a       382     0    22     1     4
 -5.1654168505807019E-01 a       383     0    22     1     5
  7.6945823136129188E-01 a       384     0    22     1     6
  3.2705642172003451E+00 a       385     0    22     1     7
 -4.5275999766372799E+00 a       386     0    22     1     8
 -6.8404254124601105E-02 a       387     0    22     1     9
  2.2637766967129807E+00 a       388     0    22     1    10
  2.5265221718461759E+00 a       389     0    22     1    11
 -1.7801453853302653E+00 a       390     0    22     1    12
  1.0718958434412975E+00 a       391     0    22     1    13
  4.3561211205066952E-01 a       392     0    22     1    14
  8.8321126425134650E-02 a       393     0    22     1    15
  1.3035141802982080E+00 a       394     0    22     1    16
 -2.2369551838414776E+00 a       395     0    22     1    17
  1.1371538503770910E+00 a       396     0    22     1    18
 -6.3867682306112583E-01 a       397     0    23     1     1
  1.2112274675708641E+00 a       398     0    23     1     2
 -9.5552048474310969E-01 a       399     0    23     1     3
  2.6767328687126626E+00 a       400     0    23     1     4
  9.1108127362341129E-01 a       401     0    23     1     5
  3.7141887234641771E+00 a       402     0    23     1     6
 -8.3686854358916873E-01 a       403     0    23     1     7
  2.3313472817732933E-01 a       404     0    23     1     8
 -3.0441949299732687E+00 a       405     0    23     1     9
  2.0261034804211917E+00 a       406     0    23     1    10
  1.9188792618137447E+00 a       407     0    23     1    11
  2.4733935607595865E+00 a       408     0    23     1    12
 -1.4198174506944281E+00 a       409     0    23     1    13
 -3.5965288925790109E+00 a       410     0    23     1    14
  1.2888696326124625E+00 a       411     0    23     1    15
  2.8861101713391413E-01 a       412     0    23     1    16
  1.8501573152216924E+00 a       413     0    23     1    17
 -1.2715999615810549E+00 a       414     0    23     1    18
 -3.1623249526368644E+00 a       415     0    24     1     1
  1.0527413360713866E+00 a       416     0    24     1     2
 -1.7076754882533935E+00 a       417     0    24     1     3
  2.0010430748880732E+00 a       418     0    24     1     4
 -1.6273807426263185E+00 a       419     0    24     1     5
  5.6626660295020503E-01 a       420     0    24     1     6
  2.0421614390785185E+00 a       421     0    24     1     7
  6.7894460775487020E-01 a       422     0    24     1     8
 -1.4548029414984947E+00 a       423     0    24     1     9
 -8.0874728938915164E-01 a       424     0    24     1    10
 -1.3858232527788135E+00 a       425     0    24     1    11
  2.1083850684237221E-01 a       426     0    24     1    12
  2.2874214943898596E-01 a       427     0    24     1    13
 -1.6441542198105727E+00 a       428     0    24     1    14
 -2.3848585423093311E+00 a       429     0    24     1    15
 -2.0003514317557342E-01 a       430     0    24     1    16
  1.9367688628319604E-01 a       431     0    24     1    17
  8.3061472640669409E-01 a       432     0    24     1    18
 -1.1558126662438779E+00 a       433     0    25     1     1
  1.9107976639086210E+00 a       434     0    25     1     2
 -1.3440667432870470E+00 a       435     0    25     1     3
 -7.4605504204441253E-01 a       436     0    25     1     4
 -7.1391812306418645E-01 a       437     0    25     1     5
 -5.1497650069591408E-02 a       438     0    25     1     6
  1.1806880075579753E+00 a       439     0    25     1     7
 -5.4859987444908880E-02 a       440     0    25     1     8
 -7.4691831485738824E-01 a       441     0    25     1     9
 -1.3391820044607958E+00 a       442     0    25     1    10
  5.4835139591508630E-01 a       443     0    25     1    11
  3.3287499459834842E+00 a       444     0    25     1    12
  2.7807889596437536E+00 a       445     0    25     1    13
 -3.2941035591064866E-01 a       446     0    25     1    14
  4.9644644394047965E-01 a       447     0    25     1    15
 -2.4692959463545741E+00 a       448     0    25     1    16
  8.7779415520053627E-01 a       449     0    25     1    17
  9.2159720376916177E-01 a       450     0    25     1    18
  1.4826396270267770E+00 a       451     0    26     1     1
 -1.8435523813070822E+00 a       452     0    26     1     2
 -4.4979643864211979E-02 a       453     0    26     1     3
 -1.3409694681790045E+00 a       454     0    26     1     4
 -1.9983090344944923E+00 a       455     0    26     1     5
 -1.8790931539042419E+00 a       456     0    26     1     6
  2.0172104248188572E-01 a       457     0    26     1     7
 -5.7404325406956636E-01 a       458     0    26     1     8
  1.1723048053238128E+00 a       459     0    26     1     9
 -1.7874024779168760E+00 a       460     0    26     1    10
 -2.9062085319037720E+00 a       461     0    26     1    11
 -2.1324574117356363E+00 a       462     0    26     1    12
  2.7391761747206931E+00 a       463     0    26     1    13
  2.0463325241282533E+00 a       464     0    26     1    14
 -1.3821807223710381E+00 a       465     0    26     1    15
 -4.0472990529107267E-01 a       466     0    26     1    16
 -1.5555529240295951E+00 a       467     0    26     1    17
  3.2307651550264245E+00 a       468     0    26     1    18
  4.0451917879461661E+00 a       469     0    27     1     1
 -2.7750242641098164E+00 a       470     0    27     1     2
 -4.0019923791458523E-02 a       471     0    27     1     3
 -6.2336903258683085E-01 a       472     0    27     1     4
 -2.9354690473880167E-02 a       473     0    27     1     5
  1.6578881302117048E+00 a       474     0    27     1     6
 -1.0434397929228298E+00 a       475     0    27     1     7
  1.0220139901302212E+00 a       476     0    27     1     8
 -1.0398582847223217E+00 a       477     0    27     1     9
  2.1869794873809001E+00 a       478     0    27     1    10
  3.1604733880039437E+00 a       479     0    27     1    11
  1.1004651766659650E+00 a       480     0    27     1    12
  2.2519230052401222E+00 a       481     0    27     1    13
  2.2468949595160006E+00 a       482     0    27     1    14
  3.4705430143315161E+00 a       483     0    27     1    15
  2.8026978699829275E-01 a       484     0    27     1    16
  3.6002564161977424E-01 a       485     0    27     1    17
 -1.8833203011416884E+00 a       486     0    27     1    18
  1.3576878676855129E+00 a       487     0    28     1     1
 -2.0403633036373860E+00 a       488     0    28     1     2
  1.1945132738963318E+00 a       489     0    28     1     3
  3.7962502551405519E+00 a       490     0    28     1     4
  1.7414356675243070E+00 a       491     0    28     1     5
  2.9753892786470333E+00 a       492     0    28     1     6
 -2.9727787846342468E-01 a       493     0    28     1     7
  1.7325250690863456E+00 a       494     0    28     1     8
 -1.9675951571153369E+00 a       495     0    28     1     9
  3.5962100831478581E+00 a       496     0    28     1    10
 -8.3291724920994648E-01 a       497     0    28     1    11
 -2.5393366659389232E+00 a       498     0    28     1    12
 -7.9957505124681616E-01 a       499     0    28     1    13
  2.5154574147443167E+00 a       500     0    28     1    14
 -6.5107578387437115E-01 a       501     0    28     1    15
  2.7820035282530018E+00 a       502     0    28     1    16
 -1.2903448804959423E+00 a       503     0    28     1    17
 -3.2270173186138513E+00 a       504     0    28     1    18
  8.0649220963854251E-01 a       505     0    29     1     1
  1.5628047098533704E+00 a       506     0    29     1     2
 -1.3658419914160075E-01 a       507     0    29     1     3
 -8.6272801311654668E-01 a       508     0    29     1     4
 -1.7093051865261542E+00 a       509     0    29     1     5
  1.3508224850814518E-01 a       510     0    29     1     6
 -7.9682729745824610E-01 a       511     0    29     1     7
  2.7160564740535911E+00 a       512     0    29     1     8
  5.6348009300015622E-01 a       513     0    29     1     9
  1.3089984396565013E+00 a       514     0    29     1    10
 -4.8498408878065585E-03 a       515     0    29     1    11
  1.8513630868073538E+00 a       516     0    29     1    12
  5.2447547601916344E-01 a       517     0    29     1    13
 -4.8582027985874437E-01 a       518     0    29     1    14
 -1.2213662786895125E+00 a       519     0    29     1    15
  3.0559553983209562E+00 a       520     0    29     1    16
  6.0336732312503161E-01 a       521     0    29     1    17
 -8.4955690536308054E-02 a       522     0    29     1    18
  4.5005938976299321E-02 a       523     0    30     1     1
 -7.8485251067087720E+00 a       524     0    30     1     2
 -1.8692206304181191E+00 a       525     0    30     1     3
 -2.7937185225788648E+00 a       526     0    30     1     4
 -3.4622798310808163E+00 a       527     0    30     1     5
  9.1314801366511822E-02 a       528     0    30     1     6
  2.5369630383718400E+00 a       529     0    30     1     7
 -9.5569892123299187E+00 a       530     0    30     1     8
 -5.0189273154220162E+00 a       531     0    30     1     9
  1.9140146081299403E+00 a       532     0    30     1    10
  6.1760666423228630E+00 a       533     0    30     1    11
 -3.5062012362546553E+00 a       534     0    30     1    12
  3.3181462685922156E+00 a       535     0    30     1    13
 -1.9631728204226735E+00 a       536     0    30     1    14
  2.8678743255773425E+00 a       537     0    30     1    15
 -1.8861450253952887E+00 a       538     0    30     1    16
 -5.3738041920775439E+00 a       539     0    30     1    17
  5.4105951220914283E+00 a       540     0    30     1    18
  3.1586012738836944E-01 a       541     0    31     1     1
 -1.3839207987542965E+00 a       542     0    31     1     2
 -1.9426730825885119E+00 a       543     0    31     1     3
  2.3489779984562900E-01 a       544     0    31     1     4
 -3.7739524035946592E-01 a       545     0    31     1     5
  5.8646532172555010E-01 a       546     0    31     1     6
 -8.2724199905426754E-01 a       547     0    31     1     7
  5.0409946634760605E-01 a       548     0    31     1     8
  4.7209188311008726E-01 a       549     0    31     1     9
  6.1826250558440288E-01 a       550     0    31     1    10
  9.4939381959130792E-02 a       551     0    31     1    11
 -4.6636244474241861E-01 a       552     0    31     1    12
  9.4940121255116283E-01 a       553     0    31     1    13
 -1.5108517074963936E+00 a       554     0    31     1    14
  3.2904773319516484E-01 a       555     0    31     1    15
  1.1575747677459918E+00 a       556     0    31     1    16
  3.8823417462413551E-01 a       557     0    31     1    17
 -1.6976393227582851E+00 a       558     0    31     1    18
  7.9712570374283809E-02 a       559     0    32     1     1
 -2.2946595449766613E-01 a       560     0    32     1     2
  7.0807749247110618E-01 a       561     0    32     1     3
 -1.0530886584955812E+00 a       562     0    32     1     4
 -1.8135408107569928E+00 a       563     0    32     1     5
  6.8507932725387521E-02 a       564     0    32     1     6
  1.1092978116830954E+00 a       565     0    32     1     7
  1.2814662622733923E+00 a       566     0    32     1     8
 -1.2307344151010617E+00 a       567     0    32     1     9
 -6.5841368998030791E-01 a       568     0    32     1    10
 -1.2816208176768468E-01 a       569     0    32     1    11
 -1.6030866561218382E+00 a       570     0    32     1    12
 -5.9729461058054656E-01 a       571     0    32     1    13
  6.0258657870168916E-02 a       572     0    32     1    14
  1.5967656275717204E+00 a       573     0    32     1    15
 -1.7820894011500861E+00 a       574     0    32     1    16
 -4.0604727574795413E-01 a       575     0    32     1    17
 -4.0820765031757350E-01 a       576     0    32     1    18
 -2.3234952685280866E-01 a       577     0    33     1     1
 -1.7191117636534828E-01 a       578     0    33     1     2
 -5.0887444992609077E-01 a       579     0    33     1     3
  8.6743766150428703E-01 a       580     0    33     1     4
 -2.3669822545623623E-01 a       581     0    33     1     5
  6.1925184023759605E-01 a       582     0    33     1     6
  4.6577765375823921E-01 a       583     0    33     1     7
 -1.4740567730915508E-01 a       584     0    33     1     8
  1.0149859557882370E+00 a       585     0    33     1     9
 -7.3143742481904706E-01 a       586     0    33     1    10
 -5.2090030042822111E-01 a       587     0    33     1    11
 -3.6404937388336006E-01 a       588     0    33     1    12
 -7.9186108858952040E-02 a       589     0    33     1    13
 -6.6178686697835776E-01 a       590     0    33     1    14
 -1.5094909012774133E-01 a       591     0    33     1    15
  8.6588548047076619E-01 a       592     0    33     1    16
  5.3986928633250686E-01 a       593     0    33     1    17
  6.9968050878532517E-01 a       594     0    33     1    18
  1.8029340605461173E+00 a       595     0    34     1     1
  1.9522137668979730E-01 a       596     0    34     1     2
  7.2004262621948167E-01 a       597     0    34     1     3
  7.4050733112658318E-01 a       598     0    34     1     4
 -1.2583396412871825E-01 a       599     0    34     1     5
 -1.0840561833358404E+00 a       600     0    34     1     6
 -3.2266725254994071E-02 a       601     0    34     1     7
 -3.0962039781389977E-02 a       602     0    34     1     8
  4.1479807975668720E-02 a       603     0    34     1     9
 -1.1538713185389005E+00 a       604     0    34     1    10
  3.5959849045870546E-01 a       605     0    34     1    11
 -3.4679856402633708E-01 a       606     0    34     1    12
  5.1890156253639219E-01 a       607     0    34     1    13
  1.6129713480705505E+00 a       608     0    34     1    14
  1.7003332654437080E+00 a       609     0    34     1    15
 -1.7586306633178239E+00 a       610     0    34     1    16
  4.7542782661973107E-02 a       611     0    34     1    17
  5.1016363407171839E-01 a       612     0    34     1    18
 -2.2595309474688108E+00 a       613     0    35     1     1
  1.5641952110698226E-01 a       614     0    35     1     2
 -7.7646525236155062E-01 a       615     0    35     1     3
 -1.7636676345788338E+00 a       616     0    35     1     4
  1.2901545312372174E-02 a       617     0    35     1     5
  1.6435872708391495E+00 a       618     0    35     1     6
  5.5571885438198354E-02 a       619     0    35     1     7
 -2.1029968420080772E-01 a       620     0    35     1     8
 -2.7603812777134451E-01 a       621     0    35     1     9
 -1.3456193539571382E+00 a       622     0    35     1    10
 -1.6385536229853065E-01 a       623     0    35     1    11
 -2.2420511214561042E-01 a       624     0    35     1    12
  4.5638716151195836E-02 a       625     0    35     1    13
 -2.6383298166320652E+00 a       626     0    35     1    14
 -9.4198417934969569E-01 a       627     0    35     1    15
 -6.3421229565306425E-01 a       628     0    35     1    16
  1.6541862969933350E+00 a       629     0    35     1    17
 -2.0961754196347466E+00 a       630     0    35     1    18
 -1.5335500033093137E+00 a       631     0    36     1     1
  2.6351788586794633E-01 a       632     0    36     1     2
 -8.1292918352231514E-01 a       633     0    36     1     3
 -7.6042519009414200E-01 a       634     0    36     1     4
 -9.5850567253059715E-01 a       635     0    36     1     5
  9.7057591784077335E-01 a       636     0    36     1     6
 -8.3360529117494156E-02 a       637     0    36     1     7
 -1.9912337034499433E-02 a       638     0    36     1     8
 -1.2539847772896000E+00 a       639     0    36     1     9
  8.7630137457573309E-01 a       640     0    36     1    10
 -1.3452956402418963E+00 a       641     0    36     1    11
 -1.0159212382383740E+00 a       642     0    36     1    12
 -1.8059651265777630E+00 a       643     0    36     1    13
 -1.0824071498170684E+00 a       644     0    36     1    14
  1.0067482620850061E+00 a       645     0    36     1    15
  7.1639401894653598E-01 a       646     0    36     1    16
  1.8113237060534704E+00 a       647     0    36     1    17
  1.2558677248274747E-01 a       648     0    36     1    18
  4.9447977010774036E-01 a       649     0    37     1     1
  7.5283880619144217E-01 a       650     0    37     1     2
  1.6745258968125615E-01 a       651     0    37     1     3
  9.5533744770359363E-01 a       652     0    37     1     4
  6.5318817058180556E-01 a       653     0    37     1     5
 -4.9584572374075064E-01 a       654     0    37     1     6
  8.2197704492216128E-01 a       655     0    37     1     7
  4.7233354213040868E-01 a       656     0    37     1     8
  3.2199991737051425E-01 a       657     0    37     1     9
 -8.9510141939895915E-01 a       658     0    37     1    10
  3.2392413899889200E-01 a       659     0    37     1    11
  1.5613234795853276E-02 a       660     0    37     1    12
 -1.3368708138042309E+00 a       661     0    37     1    13
  2.5156525526270803E+00 a       662     0    37     1    14
 -2.3622887918469453E+00 a       663     0    37     1    15
  3.4834286484197402E-01 a       664     0    37     1    16
 -1.2202160544444325E+00 a       665     0    37     1    17
 -2.6095118857672944E-01 a       666     0    37     1    18
  1.1397675436549966E+00 a       667     0    38     1     1
  6.2160056028187283E-01 a       668     0    38     1     2
 -1.1874893151380418E-01 a       669     0    38     1     3
  2.3973740935305612E+00 a       670     0    38     1     4
 -7.5450617767840644E-01 a       671     0    38     1     5
 -2.2098677253541416E-01 a       672     0    38     1     6
  3.2154230478046414E-02 a       673     0    38     1     7
 -1.6915069295333207E+00 a       674     0    38     1     8
  1.2028761160349963E+00 a       675     0    38     1     9
 -1.6250021559829493E+00 a       676     0    38     1    10
  5.8566344994715955E-02 a       677     0    38     1    11
  4.3203323918793546E-01 a       678     0    38     1    12
  2.1535967995618517E+00 a       679     0    38     1    13
  2.1829883293449373E-01 a       680     0    38     1    14
 -1.8730241622876547E+00 a       681     0    38     1    15
 -4.4207036695201485E-01 a       682     0    38     1    16
 -2.6604728854799657E+00 a       683     0    38     1    17
  3.0401840021291199E-01 a       684     0    38     1    18
  5.9743892472644548E-02 a       685     0    39     1     1
  1.4862208278779705E+00 a       686     0    39     1     2
 -3.3345463043213197E-01 a       687     0    39     1     3
  3.0608062282068844E+00 a       688     0    39     1     4
 -3.1796332443576527E+00 a       689     0    39     1     5
  2.3448135932920606E+00 a       690     0    39     1     6
 -1.4321538467272898E+00 a       691     0    39     1     7
  1.3870784586387714E+00 a       692     0    39     1     8
  3.0596702426433873E+00 a       693     0    39     1     9
 -2.3018124141225393E+00 a       694     0    39     1    10
  2.8255912098622757E+00 a       695     0    39     1    11
 -4.0377442085475872E+00 a       696     0    39     1    12
  1.7670185427418856E+00 a       697     0    39     1    13
  4.7617392294636779E-01 a       698     0    39     1    14
 -8.4941631113489580E-01 a       699     0    39     1    15
 -1.1069915105777708E+00 a       700     0    39     1    16
 -1.2819895005738935E-01 a       701     0    39     1    17
 -7.9107411351692969E-01 a       702     0    39     1    18
  6.8802642366808264E-01 a       703     0    40     1     1
 -5.8041406494344461E-01 a       704     0    40     1     2
 -1.9733134065255897E+00 a       705     0    40     1     3
  5.4263661559015759E+00 a       706     0    40     1     4
 -9.9595890403929388E-01 a       707     0    40     1     5
  4.0202413814388749E-01 a       708     0    40     1     6
 -6.7072622312761521E-01 a       709     0    40     1     7
 -4.0527174648439130E+00 a       710     0    40     1     8
 -1.7474619880369850E-02 a       711     0    40     1     9
 -2.8942508276955863E+00 a       712     0    40     1    10
  2.4777183219486779E-01 a       713     0    40     1    11
 -2.4579767476824582E-03 a       714     0    40     1    12
  5.9507853060122633E+00 a       715     0    40     1    13
  1.3598068313505445E+00 a       716     0    40     1    14
  1.4080207982426374E+00 a       717     0    40     1    15
  2.7140775258250249E+00 a       718     0    40     1    16
 -5.3945494353625136E+00 a       719     0    40     1    17
 -1.8158216251425519E-01 a       720     0    40     1    18
  4.0922094519809376E+00 a       721     0    41     1     1
  1.9017048098125038E+00 a       722     0    41     1     2
  2.2666947884738136E+00 a       723     0    41     1     3
  1.7416172464598805E+00 a       724     0    41     1     4
  4.4780501590024979E-01 a       725     0    41     1     5
  1.4500242050860936E+00 a       726     0    41     1     6
  4.0728264387919288E-01 a       727     0    41     1     7
 -2.0919441326675505E+00 a       728     0    41     1     8
  2.9961511625665702E+00 a       729     0    41     1     9
 -1.2104402530473266E+00 a       730     0    41     1    10
  1.9935354480308527E+00 a       731     0    41     1    11
  2.1720122259785346E-01 a       732     0    41     1    12
  1.2692242971858128E+00 a       733     0    41     1    13
  1.2785908425330110E+00 a       734     0    41     1    14
 -8.1738398845109406E-01 a       735     0    41     1    15
  6.7874379285615460E-01 a       736     0    41     1    16
 -7.0037379958829205E-01 a       737     0    41     1    17
  2.0473480877130279E+00 a       738     0    41     1    18
 -1.8981334973484784E-01 a       739     0    42     1     1
  1.3238009577435217E+00 a       740     0    42     1     2
 -3.9231937763950802E+00 a       741     0    42     1     3
  1.3411792351121534E+00 a       742     0    42     1     4
 -2.8302970735832109E+00 a       743     0    42     1     5
  9.5642780340888300E-01 a       744     0    42     1     6
  2.2305916003649617E+00 a       745     0    42     1     7
 -1.7173167070696898E+00 a       746     0    42     1     8
  1.1174386505601690E+00 a       747     0    42     1     9
 -7.5750827016295186E-01 a       748     0    42     1    10
  2.8937278064676053E-01 a       749     0    42     1    11
  2.1270719342764441E+00 a       750     0    42     1    12
 -1.0535294210807296E+00 a       751     0    42     1    13
  6.3602431623744293E-01 a       752     0    42     1    14
  2.8392870216728023E+00 a       753     0    42     1    15
  1.3341547984908364E+00 a       754     0    42     1    16
  3.2802989260428556E-01 a       755     0    42     1    17
 -1.6476863804111919E+00 a       756     0    42     1    18
  1.2870710067081808E+00 a       757     0    43     1     1
 -3.9336094883737072E-02 a       758     0    43     1     2
  1.6737068512587792E+00 a       759     0    43     1     3
  1.4939096677622325E-02 a       760     0    43     1     4
  1.7669530104193960E+00 a       761     0    43     1     5
 -6.5230892299709764E-01 a       762     0    43     1     6
 -2.2460474422110339E+00 a       763     0    43     1     7
  1.2582788801252192E+00 a       764     0    43     1     8
  1.5306069826552873E-04 a       765     0    43     1     9
 -8.8955512849244966E-02 a       766     0    43     1    10
  1.6939088857600682E+00 a       767     0    43     1    11
 -2.1930656515710449E+00 a       768     0    43     1    12
 -4.0624990597403787E+00 a       769     0    43     1    13
 -1.4067453704736588E+00 a       770     0    43     1    14
  3.0425447282026763E+00 a       771     0    43     1    15
  1.0744706686309113E+00 a       772     0    43     1    16
  1.3348878768357835E+00 a       773     0    43     1    17
  6.2124826515275788E-01 a       774     0    43     1    18
  6.4450198714151643E+00 a       775     0    44     1     1
 -4.1604839346634224E+00 a       776     0    44     1     2
  1.4129850411255989E+00 a       777     0    44     1     3
 -9.5082324797991469E-01 a       778     0    44     1     4
  8.0630935367259526E-01 a       779     0    44     1     5
 -5.4970338551755871E-01 a       780     0    44     1     6
 -2.0862026103119597E+00 a       781     0    44     1     7
  1.7824618719433111E-01 a       782     0    44     1     8
 -6.7460417852569332E-01 a       783     0    44     1     9
  1.8687420279597098E+00 a       784     0    44     1    10
 -9.0175436549571375E-01 a       785     0    44     1    11
 -6.0297212564649494E-01 a       786     0    44     1    12
  7.8309474577538940E-01 a       787     0    44     1    13
  3.8634721579404179E+00 a       788     0    44     1    14
  5.3164991611189611E+00 a       789     0    44     1    15
 -3.3628568938417129E+00 a       790     0    44     1    16
  7.5064940931436752E-01 a       791     0    44     1    17
 -9.1498055037737414E-01 a       792     0    44     1    18
  1.3957409556231424E+00 a       793     0    45     1     1
 -9.0517536330324014E-02 a       794     0    45     1     2
  1.7546157415608405E+00 a       795     0    45     1     3
 -3.3801161170915659E+00 a       796     0    45     1     4
  2.2691668253990942E+00 a       797     0    45     1     5
  1.5384762215503891E+00 a       798     0    45     1     6
 -1.2771284694124765E+00 a       799     0    45     1     7
  3.3535467944289534E+00 a       800     0    45     1     8
  1.2893540530086667E+00 a       801     0    45     1     9
  4.2383152276503262E+00 a       802     0    45     1    10
 -2.1206557099082032E-01 a       803     0    45     1    11
  1.4828765378794497E+00 a       804     0    45     1    12
 -3.3120027497637254E+00 a       805     0    45     1    13
 -1.7423408215498348E-01 a       806     0    45     1    14
 -2.2197245481017829E+00 a       807     0    45     1    15
 -3.2029978075930177E-01 a       808     0    45     1    16
  3.2421971244307235E-01 a       809     0    45     1    17
  6.4190592009294489E-01 a       810     0    45     1    18
 -3.7748333600874426E+00 a       811     0    46     1     1
 -8.2693639772928140E+00 a       812     0    46     1     2
 -4.4926347271336482E+00 a       813     0    46     1     3
 -3.4255362971009157E-01 a       814     0    46     1     4
  8.7051111451449859E-01 a       815     0    46     1     5
  6.1230512327455167E-01 a       816     0    46     1     6
 -2.9637219044972101E+00 a       817     0    46     1     7
  4.5933224520987581E+00 a       818     0    46     1     8
 -7.1935368689578660E-01 a       819     0    46     1     9
  2.8285183829420260E+00 a       820     0    46     1    10
 -3.7181677497746195E+00 a       821     0    46     1    11
  7.7478479680934165E-01 a       822     0    46     1    12
  5.0851884304592632E-01 a       823     0    46     1    13
  5.7656465489613473E-01 a       824     0    46     1    14
 -2.7035413435214815E+00 a       825     0    46     1    15
  1.7655365430234626E+00 a       826     0    46     1    16
 -1.7812419061951261E+00 a       827     0    46     1    17
 -1.4137327404125837E+00 a       828     0    46     1    18
 -2.0464041960977251E+00 a       829     0    47     1     1
 -3.7605475662910317E+00 a       830     0    47     1     2
 -1.5489318631876594E+00 a       831     0    47     1     3
  4.5688553213340661E+00 a       832     0    47     1     4
  1.0447879033234873E+00 a       833     0    47     1     5
 -1.4059555515931774E-01 a       834     0    47     1     6
 -4.1419688534164162E-01 a       835     0    47     1     7
  2.1732467302836791E+00 a       836     0    47     1     8
 -3.1259812458333158E+00 a       837     0    47     1     9
 -4.4049468353817556E+00 a       838     0    47     1    10
 -3.1634513125731489E+00 a       839     0    47     1    11
 -1.5888278747671349E+00 a       840     0    47     1    12
  6.1001392271574133E+00 a       841     0    47     1    13
 -8.7344579389550836E-01 a       842     0    47     1    14
  5.7416622440441873E+00 a       843     0    47     1    15
 -3.5086637383803003E+00 a       844     0    47     1    16
  1.2580885072282366E+00 a       845     0    47     1    17
 -4.3096179494159548E-01 a       846     0    47     1    18
  1.0943693221922324E+00 a       847     0    48     1     1
  3.4402636886238729E+00 a       848     0    48     1     2
  1.6390779210202966E-01 a       849     0    48     1     3
  4.2371907315173791E+00 a       850     0    48     1     4
  3.1400463677550738E+00 a       851     0    48     1     5
 -3.1181271802352164E+00 a       852     0    48     1     6
 -1.0437647728429513E+00 a       853     0    48     1     7
 -2.3642413629053980E+00 a       854     0    48     1     8
 -1.4275423657804440E+00 a       855     0    48     1     9
  2.8023818180303213E+00 a       856     0    48     1    10
  1.8996002620926440E+00 a       857     0    48     1    11
 -1.0119927081313982E+00 a       858     0    48     1    12
 -4.2382986626654660E+00 a       859     0    48     1    13
 -3.8506495605303650E+00 a       860     0    48     1    14
  2.8097512765146559E+00 a       861     0    48     1    15
  5.4325554531775355E-01 a       862     0    48     1    16
  8.5448360980416282E-01 a       863     0    48     1    17
 -2.3117321844781542E+00 a       864     0    48     1    18
  8.5164676679567586E-01 a       865     0    49     1     1
 -3.1641799922547731E-01 a       866     0    49     1     2
 -6.4779737445571772E-01 a       867     0    49     1     3
 -7.8884828824990025E-02 a       868     0    49     1     4
 -9.6511911441935095E-03 a       869     0    49     1     5
  1.2719007023769460E+00 a       870     0    49     1     6
 -1.1887266788816908E+00 a       871     0    49     1     7
 -2.2297716957114624E-01 a       872     0    49     1     8
  1.2702706207548660E+00 a       873     0    49     1     9
  4.5386189839092272E-01 a       874     0    49     1    10
  6.7695900948732191E-01 a       875     0    49     1    11
  9.3477941092263050E-01 a       876     0    49     1    12
 -3.3669558073581179E-01 a       877     0    49     1    13
 -1.6225638735193806E+00 a       878     0    49     1    14
  6.9950317817144370E-01 a       879     0    49     1    15
  1.9250748733236134E+00 a       880     0    49     1    16
  4.7515833907116234E-01 a       881     0    49     1    17
  1.2653340910119313E+00 a       882     0    49     1    18
  2.9011989325584309E-01 a       883     0    50     1     1
  3.3767868132146182E-02 a       884     0    50     1     2
 -2.1098651349065431E-01 a       885     0    50     1     3
  5.9433442332478670E-01 a       886     0    50     1     4
  3.9306408698915796E-01 a       887     0    50     1     5
  3.7265712210740543E-01 a       888     0    50     1     6
 -7.3833480772324123E-01 a       889     0    50     1     7
 -7.8733528076588155E-01 a       890     0    50     1     8
  2.9810080401720834E-01 a       891     0    50     1     9
  1.2992325566283458E+00 a       892     0    50     1    10
 -2.1072707882139635E-01 a       893     0    50     1    11
 -1.7088638159359848E-01 a       894     0    50     1    12
 -2.3728257156194216E-03 a       895     0    50     1    13
 -3.8696486244209044E-01 a       896     0    50     1    14
  6.7324158620992802E-01 a       897     0    50     1    15
  1.6651385171616055E+00 a       898     0    50     1    16
  3.4126416990196423E-01 a       899     0    50     1    17
 -4.8821946183026051E-02 a       900     0    50     1    18
  1.3648980378871709E+00 a       901     0    51     1     1
 -8.6800981600626326E-02 a       902     0    51     1     2
 -7.0771764429427542E-01 a       903     0    51     1     3
  1.1855749135954174E+00 a       904     0    51     1     4
  1.1445210665620200E+00 a       905     0    51     1     5
  1.0237363913626025E+00 a       906     0    51     1     6
  3.1365516064607502E-01 a       907     0    51     1     7
 -7.8907660268719038E-01 a       908     0    51     1     8
 -1.6267498161323974E+00 a       909     0    51     1     9
  6.1817318202571137E-01 a       910     0    51     1    10
 -1.2639883925087720E+00 a       911     0    51     1    11
 -1.0023255571815436E-01 a       912     0    51     1    12
 -5.1443291733813290E-01 a       913     0    51     1    13
 -1.1830511743857839E+00 a       914     0    51     1    14
 -1.0160969081393746E-01 a       915     0    51     1    15
 -1.9934195658144005E-01 a       916     0    51     1    16
  5.8279636745427188E-01 a       917     0    51     1    17
  9.9900154569799282E-02 a       918     0    51     1    18
 -1.3132137098346102E+00 a       919     0    52     1     1
 -8.6696546957408305E-01 a       920     0    52     1     2
  1.1922227271779573E+00 a       921     0    52     1     3
 -1.5671713581233007E+00 a       922     0    52     1     4
 -1.6459824424653711E+00 a       923     0    52     1     5
  8.1185959599450919E-01 a       924     0    52     1     6
  1.4698156671723854E+00 a       925     0    52     1     7
  5.1795763211914359E-01 a       926     0    52     1     8
  1.0078355675105941E+00 a       927     0    52     1     9
 -1.1555164701724976E+00 a       928     0    52     1    10
 -2.7137615513651259E+00 a       929     0    52     1    11
  3.4853482153727267E-01 a       930     0    52     1    12
  3.3822220375899974E+00 a       931     0    52     1    13
  2.1588809292982756E+00 a       932     0    52     1    14
 -6.9816040622710251E-01 a       933     0    52     1    15
 -7.0441230720459602E-01 a       934     0    52     1    16
 -2.5664337355131378E-01 a       935     0    52     1    17
  2.3321681232440259E+00 a       936     0    52     1    18
  8.5083767015905498E-01 a       937     0    53     1     1
  1.3669499486167511E+00 a       938     0    53     1     2
  1.6451563100460171E+00 a       939     0    53     1     3
 -1.1668744020316653E+00 a       940     0    53     1     4
  2.4913699884452725E+00 a       941     0    53     1     5
 -3.8486638016795716E-01 a       942     0    53     1     6
  1.1181238709134971E+00 a       943     0    53     1     7
 -1.1537227750592403E+00 a       944     0    53     1     8
 -1.7742318960543439E+00 a       945     0    53     1     9
  7.4933396147929821E-01 a       946     0    53     1    10
 -9.1873748732107741E-01 a       947     0    53     1    11
 -1.6727268354019522E+00 a       948     0    53     1    12
 -1.1791129080280320E+00 a       949     0    53     1    13
 -8.3746382753136484E-01 a       950     0    53     1    14
  5.5148775358689756E-02 a       951     0    53     1    15
 -2.3774862772242358E+00 a       952     0    53     1    16
  3.6045686129044379E+00 a       953     0    53     1    17
  4.4123690866961168E-01 a       954     0    53     1    18
 -2.4471202262361524E+00 a       955     0    54     1     1
  2.7188193392407438E+00 a       956     0    54     1     2
  6.8082291013439522E-01 a       957     0    54     1     3
  4.3506522987623930E-01 a       958     0    54     1     4
  2.9573159690335197E-02 a       959     0    54     1     5
  1.1282745894327644E+00 a       960     0    54     1     6
 -4.6937889846322262E-01 a       961     0    54     1     7
  2.0872352030366473E-01 a       962     0    54     1     8
  3.1626955163213771E-01 a       963     0    54     1     9
  2.5977494425516168E-01 a       964     0    54     1    10
  1.5070919200700150E+00 a       965     0    54     1    11
 -6.2639584856366048E-01 a       966     0    54     1    12
  7.8753895020549436E-01 a       967     0    54     1    13
 -3.5870059400790494E-01 a       968     0    54     1    14
  1.0925756337364940E+00 a       969     0    54     1    15
  1.1884172130968189E+00 a       970     0    54     1    16
 -3.9145688380322099E+00 a       971     0    54     1    17
 -8.4416450941945664E-01 a       972     0    54     1    18
  2.5398238698566584E+00 a       973     0    55     1     1
  3.4064215037556713E+00 a       974     0    55     1     2
 -2.9881892484562456E+00 a       975     0    55     1     3
 -2.5085845169161884E+00 a       976     0    55     1     4
  3.0976917144762348E+00 a       977     0    55     1     5
 -8.2594980516214855E-01 a       978     0    55     1     6
  4.4864690970509369E-01 a       979     0    55     1     7
 -1.1124980646556728E+00 a       980     0    55     1     8
 -7.9139524086261437E-01 a       981     0    55     1     9
  1.8427650894478154E+00 a       982     0    55     1    10
 -1.0039898678389561E-01 a       983     0    55     1    11
  2.8919606902074455E+00 a       984     0    55     1    12
 -2.1281302948935603E+00 a       985     0    55     1    13
  1.0542986078216614E-01 a       986     0    55     1    14
 -2.0336604337285076E+00 a       987     0    55     1    15
 -2.3368385916226462E+00 a       988     0    55     1    16
  1.7324781706729302E+00 a       989     0    55     1    17
 -3.7475567513641259E+00 a       990     0    55     1    18
 -6.8043120944076374E-01 a       991     0    56     1     1
  4.9091028415635130E+00 a       992     0    56     1     2
 -2.9935909333373751E+00 a       993     0    56     1     3
 -1.2964354598394772E+00 a       994     0    56     1     4
  9.0480668227918615E-01 a       995     0    56     1     5
 -2.2554884759547171E+00 a       996     0    56     1     6
  1.4523828171959259E+00 a       997     0    56     1     7
 -2.3029656739111593E+00 a       998     0    56     1     8
  9.6408952949241200E-01 a       999     0    56     1     9
  2.6506186457615661E+00 a      1000     0    56     1    10
  1.5256645902477384E+00 a      1001     0    56     1    11
  8.0903364461844363E-01 a      1002     0    56     1    12
 -1.7876966744334590E+00 a      1003     0    56     1    13
  3.7131146470880303E+00 a      1004     0    56     1    14
 -3.1016638725299761E-01 a      1005     0    56     1    15
  2.1298783678894844E+00 a      1006     0    56     1    16
 -2.9642710333745677E+00 a      1007     0    56     1    17
 -3.7774604275450812E+00 a      1008     0    56     1    18
 -1.0926225591425975E-02 a      1009     0    57     1     1
 -1.0031820289689735E+00 a      1010     0    57     1     2
 -1.2112045575915414E-01 a      1011     0    57     1     3
 -1.9731031481065195E+00 a      1012     0    57     1     4
 -1.0771963208357411E+00 a      1013     0    57     1     5
 -1.7194651834110669E-01 a      1014     0    57     1     6
  8.1612798325377678E-01 a      1015     0    57     1     7
 -3.9539512737301880E-01 a      1016     0    57     1     8
  3.4711760138524278E-01 a      1017     0    57     1     9
 -1.1621667800484576E+00 a      1018     0    57     1    10
 -2.0218300381028516E+00 a      1019     0    57     1    11
 -2.0948776927282196E+00 a      1020     0    57     1    12
  2.7052938216915230E+00 a      1021     0    57     1    13
 -2.2281179437482028E+00 a      1022     0    57     1    14
 -7.3907467050760234E-01 a      1023     0    57     1    15
 -8.0773793821026951E-01 a      1024     0    57     1    16
  2.2440008711851278E-01 a      1025     0    57     1    17
  1.2464588749541011E-01 a      1026     0    57     1    18
 -1.9556107596507205E-01 a      1027     0    58     1     1
 -8.7193216793487571E-01 a      1028     0    58     1     2
  1.5743021844377727E+00 a      1029     0    58     1     3
 -1.0790596938766657E+00 a      1030     0    58     1     4
 -1.0206403743828564E-01 a      1031     0    58     1     5
 -1.0163146190436518E+00 a      1032     0    58     1     6
  2.9203477564587619E+00 a      1033     0    58     1     7
  2.4191566805068221E-01 a      1034     0    58     1     8
 -3.3337712261471852E-01 a      1035     0    58     1     9
 -1.0322304047246744E+00 a      1036     0    58     1    10
  4.3527444346240916E-02 a      1037     0    58     1    11
  3.6811527304020761E+00 a      1038     0    58     1    12
  2.7529496378487350E-01 a      1039     0    58     1    13
 -5.3631616625399148E-01 a      1040     0    58     1    14
 -3.9361454742842468E+00 a      1041     0    58     1    15
  1.0058614844731935E+00 a      1042     0    58     1    16
 -1.6305518653676818E+00 a      1043     0    58     1    17
  1.6088400517022172E+00 a      1044     0    58     1    18
  1.0675438412196085E+00 a      1045     0    59     1     1
 -1.7070850965102863E-01 a      1046     0    59     1     2
 -4.3207013547794498E-01 a      1047     0    59     1     3
  2.1367357443373187E+00 a      1048     0    59     1     4
 -2.7855583175471157E+00 a      1049     0    59     1     5
  3.6845214509577104E+00 a      1050     0    59     1     6
 -3.3454105110104909E-01 a      1051     0    59     1     7
  3.2802497992634763E+00 a      1052     0    59     1     8
  2.8252113933754281E+00 a      1053     0    59     1     9
 -1.9326140599340003E+00 a      1054     0    59     1    10
  3.9015515817779707E+00 a      1055     0    59     1    11
 -2.0359082312790542E+00 a      1056     0    59     1    12
  2.2511838701253835E+00 a      1057     0    59     1    13
  3.1505552120449161E+00 a      1058     0    59     1    14
  2.0290000167498233E-03 a      1059     0    59     1    15
  3.0299074654334754E+00 a      1060     0    59     1    16
 -8.1799683955207192E-01 a      1061     0    59     1    17
  4.0755569516988874E+00 a      1062     0    59     1    18
 -1.1777754533229143E+00 a      1063     0    60     1     1
 -3.0366111042407056E+00 a      1064     0    60     1     2
  3.2289133684824347E+00 a      1065     0    60     1     3
 -4.9999850450304423E-01 a      1066     0    60     1     4
 -1.4405469698682333E-01 a      1067     0    60     1     5
 -9.1412530700001660E-01 a      1068     0    60     1     6
 -3.7557279774770769E+00 a      1069     0    60     1     7
  3.6751563126269153E+00 a      1070     0    60     1     8
  1.5814437629152767E+00 a      1071     0    60     1     9
  4.7141190289879459E-01 a      1072     0    60     1    10
  2.5622932374026721E+00 a      1073     0    60     1    11
  1.4739319030854376E+00 a      1074     0    60     1    12
 -3.1616032744124423E-01 a      1075     0    60     1    13
  2.7896769327120454E+00 a      1076     0    60     1    14
 -9.4755368929469463E-01 a      1077     0    60     1    15
  2.4088172821487128E+00 a      1078     0    60     1    16
 -3.4465753312822591E+00 a      1079     0    60     1    17
  1.3256814460302129E+00 a      1080     0    60     1    18
 -1.2895837894679778E+00 a      1081     0    61     1     1
 -4.5581292590836042E-01 a      1082     0    61     1     2
 -9.3342904305879781E-01 a      1083     0    61     1     3
  1.8940492911829410E-01 a      1084     0    61     1     4
 -1.0695618101409494E+00 a      1085     0    61     1     5
  8.8933915500914773E-01 a      1086     0    61     1     6
  1.6544215647604930E+00 a      1087     0    61     1     7
 -3.5840298413637717E-01 a      1088     0    61     1     8
  1.6611281066495303E+00 a      1089     0    61     1     9
  1.9340322587367706E-01 a      1090     0    61     1    10
 -7.7198089629315880E-01 a      1091     0    61     1    11
  1.4271155939836071E+00 a      1092     0    61     1    12
  3.3884773225452975E+00 a      1093     0    61     1    13
  1.5610031467005521E+00 a      1094     0    61     1    14
 -1.3308452223679106E+00 a      1095     0    61     1    15
  1.5317395095991226E-01 a      1096     0    61     1    16
 -8.7885380589729467E-01 a      1097     0    61     1    17
  7.8602549534920185E-01 a      1098     0    61     1    18
 -3.1546413708447596E+00 a      1099     0    62     1     1
  5.0298356376699782E-01 a      1100     0    62     1     2
 -9.3005603911234647E-01 a      1101     0    62     1     3
 -1.0882132287596826E+00 a      1102     0    62     1     4
  3.3323523032251110E+00 a      1103     0    62     1     5
 -9.6598301139492693E-01 a      1104     0    62     1     6
  1.3493464857054385E+00 a      1105     0    62     1     7
 -9.3561774453791857E-01 a      1106     0    62     1     8
  4.7784603145737126E-01 a      1107     0    62     1     9
 -1.1941796890728183E-01 a      1108     0    62     1    10
 -1.9416152577950019E+00 a      1109     0    62     1    11
  1.2380448390375036E+00 a      1110     0    62     1    12
 -1.7608914603888162E+00 a      1111     0    62     1    13
 -6.8842258788783117E-01 a      1112     0    62     1    14
 -2.7768132003421058E+00 a      1113     0    62     1    15
  1.9446218190936153E+00 a      1114     0    62     1    16
  1.6199675823103445E+00 a      1115     0    62     1    17
  2.6811692645365652E+00 a      1116     0    62     1    18
  1.5373409319519873E+00 a      1117     0    63     1     1
 -2.1420938095287396E+00 a      1118     0    63     1     2
  5.8439973211386844E+00 a      1119     0    63     1     3
 -4.4985433473889387E+00 a      1120     0    63     1     4
  9.3388221405107086E-01 a      1121     0    63     1     5
 -1.2077448432908549E+00 a      1122     0    63     1     6
 -1.1606707107408036E+00 a      1123     0    63     1     7
 -1.7742391954871506E+00 a      1124     0    63     1     8
  3.7844104127975888E+00 a      1125     0    63     1     9
  3.1466583251499118E+00 a      1126     0    63     1    10
  4.4830038672876743E-01 a      1127     0    63     1    11
  3.0674778981428856E+00 a      1128     0    63     1    12
 -3.9599109874770373E+00 a      1129     0    63     1    13
 -2.0765538880176986E+00 a      1130     0    63     1    14
 -5.9781578760001279E+00 a      1131     0    63     1    15
 -9.6155009010332493E-01 a      1132     0    63     1    16
 -1.4850423652101494E-01 a      1133     0    63     1    17
  2.4608560624926286E+00 a      1134     0    63     1    18
  1.9852064512097256E-01 a      1135     0    64     1     1
  2.6918804561387328E+00 a      1136     0    64     1     2
  5.7066790417635680E+00 a      1137     0    64     1     3
 -1.2960320785212671E+00 a      1138     0    64     1     4
 -3.1734783424612054E+00 a      1139     0    64     1     5
  8.6007734042615436E-01 a      1140     0    64     1     6
  8.6130556333361263E-01 a      1141     0    64     1     7
 -9.5680427886398378E-01 a      1142     0    64     1     8
 -1.1073454202949637E+00 a      1143     0    64     1     9
 -9.6693109877038430E-01 a      1144     0    64     1    10
  3.6883342040172522E+00 a      1145     0    64     1    11
 -3.3750165134555319E+00 a      1146     0    64     1    12
  9.9058481102600793E-01 a      1147     0    64     1    13
 -2.2640089970443280E+00 a      1148     0    64     1    14
  6.1159415921952736E+00 a      1149     0    64     1    15
 -9.8371697248985160E-02 a      1150     0    64     1    16
 -1.8032729973441148E+00 a      1151     0    64     1    17
  1.9336857825498717E+00 a      1152     0    64     1    18
  5.2592287835744289E-01 b      1153     1     1
  1.9022464991322283E-01 b      1154     1     2
  2.4629379695842790E-01 b      1155     1     3
  1.2951421501362154E-01 b      1156     1     4
  2.3191842839783169E-01 b      1157     1     5
  2.3094322191953517E-01 b      1158     1     6
  6.8859211741667037E-01 b      1159     1     7
  5.4847310309439179E-01 b      1160     1     8
  1.8049674002937030E-01 b      1161     1     9
  7.0858588334132211E-01 b      1162     1    10
  2.1905411968111457E-01 b      1163     1    11
  5.4324520365885254E-01 b      1164     1    12
  2.9767335955690249E-01 b      1165     1    13
  1.3037567845425266E-01 b      1166     1    14
  4.7987811356875998E-01 b      1167     1    15
  5.4732325747730282E-01 b      1168     1    16
  3.3449742727232651E-01 b      1169     1    17
  2.0713531843572397E-01 b      1170     1    18
 -1.2438206532686953E+00 a      1171     1     1     2     1
 -4.0958931831756867E-01 a      1172     1     1     2     2
 -8.9121130767260553E-02 a      1173     1     1     2     3
 -1.3998528489252366E+00 a      1174     1     1     2     4
  9.2970382717692601E-01 a      1175     1     1     2     5
 -6.4739803846742783E-01 a      1176     1     1     2     6
  2.3679381704247385E-01 a      1177     1     1     2     7
 -2.9532944229044283E-01 a      1178     1     1     2     8
  3.1775870535002620E-01 a      1179     1     1     2     9
 -2.7426984695604550E-01 a      1180     1     1     2    10
  7.3778088341471970E-01 a      1181     1     1     2    11
 -5.4613907217873781E-01 a      1182     1     1     2    12
 -2.1543747040881095E-01 a      1183     1     1     2    13
 -1.4967066907359148E+00 a      1184     1     1     2    14
 -9.0389113175278746E-01 a      1185     1     1     2    15
  1.3514606533147115E+00 a      1186     1     1     2    16
  1.1087044390791283E+00 a      1187     1     1     2    17
 -3.1967239547370141E-01 a      1188     1     1     2    18
  1.4482716906265330E-01 a      1189     1     2     2     1
 -2.3753422277030931E+00 a      1190     1     2     2     2
 -5.0542474070123578E-02 a      1191     1     2     2     3
 -5.1336553260381923E-01 a      1192     1     2     2     4
 -9.9644010498897795E-01 a      1193     1     2     2     5
  1.1845854964917355E+00 a      1194     1     2     2     6
 -2.3374107956787560E-01 a      1195     1     2     2     7
 -1.2782926963385051E+00 a      1196     1     2     2     8
 -4.0898879536576199E-01 a      1197     1     2     2     9
  1.1062929519105220E-01 a      1198     1     2     2    10
 -1.2787261532206098E+00 a      1199     1     2     2    11
 -1.3859833131613404E+00 a      1200     1     2     2    12
  3.1022438056747431E-01 a      1201     1     2     2    13
  1.7768002951025486E-01 a      1202     1     2     2    14
  1.2795901446777553E+00 a      1203     1     2     2    15
 -5.3066476289643860E-01 a      1204     1     2     2    16
  1.0381377600461255E+00 a      1205     1     2     2    17
  1.3329156986393149E+00 a      1206     1     2     2    18
  9.4007988806908860E-01 a      1207     1     3     2     1
  1.9070298463949316E+00 a      1208     1     3     2     2
  3.5029348131677357E-01 a      1209     1     3     2     3
 -2.2736850002191844E-01 a      1210     1     3     2     4
  7.8184302761664681E-01 a      1211     1     3     2     5
 -3.9330503544860373E-01 a      1212     1     3     2     6
 -4.1020059261385450E-01 a      1213     1     3     2     7
 -1.2466031841245190E-01 a      1214     1     3     2     8
 -1.2837384656511283E-01 a      1215     1     3     2     9
 -6.0903015900587998E-01 a      1216     1     3     2    10
 -3.7427729986243830E-01 a      1217     1     3     2    11
 -1.9406013155689927E-01 a      1218     1     3     2    12
  7.9097590134873622E-02 a      1219     1     3     2    13
  7.8689810225211998E-01 a      1220     1     3     2    14
 -2.7732630691068383E-01 a      1221     1     3     2    15
 -1.2775274703822930E+00 a      1222     1     3     2    16
 -1.0354570029607448E+00 a      1223     1     3     2    17
 -1.0748016982929121E+00 a      1224     1     3     2    18
 -2.2038743424414248E-01 a      1225     1     4     2     1
 -1.7710138062271710E+00 a      1226     1     4     2     2
  4.2376364710618653E-01 a      1227     1     4     2     3
  3.6722595149242615E-01 a      1228     1     4     2     4
 -1.4177520531369638E-02 a      1229     1     4     2     5
  1.3559719533407250E-01 a      1230     1     4     2     6
 -6.5554735253118990E-01 a      1231     1     4     2     7
 -4.4696205153888025E-01 a      1232     1     4     2     8
 -3.5685596528299207E-01 a      1233     1     4     2     9
 -4.8156768265799438E-01 a      1234     1     4     2    10
  1.0407978118296852E+00 a      1235     1     4     2    11
  4.5926870960853801E-02 a      1236     1     4     2    12
 -1.8285399037089473E-01 a      1237     1     4     2    13
 -2.8685987070947450E-01 a      1238     1     4     2    14
  3.6218924059202673E-01 a      1239     1     4     2    15
  1.3180703832582188E+00 a      1240     1     4     2    16
  8.9393711845450907E-01 a      1241     1     4     2    17
  5.2774950546359023E-01 a      1242     1     4     2    18
 -3.4365205249586789E-01 a      1243     1     5     2     1
  1.0757196563243114E+00 a      1244     1     5     2     2
  4.9680876889686998E-01 a      1245     1     5     2     3
 -1.5382901659800206E+00 a      1246     1     5     2     4
 -1.3455305417592325E-01 a      1247     1     5     2     5
 -9.4565198362155090E-01 a      1248     1     5     2     6
  2.9376723422916445E-01 a      1249     1     5     2     7
 -5.6967149863080060E-02 a      1250     1     5     2     8
  4.3579439275016890E-01 a      1251     1     5     2     9
  1.1723683907044180E-01 a      1252     1     5     2    10
 -8.2033399190467349E-01 a      1253     1     5     2    11
 -4.5760976056709107E-01 a      1254     1     5     2    12
 -1.8342166350210939E-01 a      1255     1     5     2    13
 -9.3717810033873594E-01 a      1256     1     5     2    14
 -3.3307651894324608E-01 a      1257     1     5     2    15
 -4.5922345416312765E-02 a      1258     1     5     2    16
 -1.2169871909819838E+00 a      1259     1     5     2    17
  1.6609567980414236E-01 a      1260     1     5     2    18
  4.4935928511368667E-01 a      1261     1     6     2     1
 -5.2273283543118887E-01 a      1262     1     6     2     2
 -6.6581559770167220E-01 a      1263     1     6     2     3
  1.6481613011565737E+00 a      1264     1     6     2     4
 -3.4351996244429794E-01 a      1265     1     6     2     5
  2.9926472415159644E-01 a      1266     1     6     2     6
 -3.9572762129502448E-01 a      1267     1     6     2     7
  9.4074789406299242E-01 a      1268     1     6     2     8
 -6.1181122243406449E-01 a      1269     1     6     2     9
  2.1435123712817886E-01 a      1270     1     6     2    10
 -1.3596528540276773E+00 a      1271     1     6     2    11
  5.4543996543367246E-01 a      1272     1     6     2    12
  2.6306367437755851E-01 a      1273     1     6     2    13
  4.0732061664166747E-01 a      1274     1     6     2    14
  1.5504106492502165E-01 a      1275     1     6     2    15
 -1.7313953773058930E+00 a      1276     1     6     2    16
 -1.4889402627486301E+00 a      1277     1     6     2    17
 -7.7362844519283369E-01 a      1278     1     6     2    18
 -7.1999242538665506E-02 a      1279     1     7     2     1
  2.1412253946101831E+00 a      1280     1     7     2     2
 -5.5013128972446690E-01 a      1281     1     7     2     3
  2.6668823886244009E-01 a      1282     1     7     2     4
 -2.9912165047012401E-01 a      1283     1     7     2     5
  4.6718488913691664E-01 a      1284     1     7     2     6
  2.7184812791205826E-01 a      1285     1     7     2     7
 -8.5464690168731650E-02 a      1286     1     7     2     8
  3.9054514581045685E-01 a      1287     1     7     2     9
  5.0503468076950153E-01 a      1288     1     7     2    10
 -6.6033802106983452E-01 a      1289     1     7     2    11
 -3.1319215998965688E-01 a      1290     1     7     2    12
 -8.9031209739225026E-01 a      1291     1     7     2    13
 -7.7947291579102995E-01 a      1292     1     7     2    14
 -3.9982369816186791E-01 a      1293     1     7     2    15
  2.6002570710486989E-01 a      1294     1     7     2    16
 -8.3407265841798428E-01 a      1295     1     7     2    17
  1.1850705819317026E-01 a      1296     1     7     2    18
 -7.1376621413928154E-01 a      1297     1     8     2     1
  8.0488756750550339E-01 a      1298     1     8     2     2
  3.8737946349208713E-01 a      1299     1     8     2     3
 -3.3992756544506564E-01 a      1300     1     8     2     4
  1.8575318470824406E-01 a      1301     1     8     2     5
  4.4871681722643270E-01 a      1302     1     8     2     6
 -1.0614919889333883E+00 a      1303     1     8     2     7
 -8.1240563191474033E-02 a      1304     1     8     2     8
  1.8205321435060190E-01 a      1305     1     8     2     9
  4.0220988389078927E-01 a      1306     1     8     2    10
  5.0401380189000033E-01 a      1307     1     8     2    11
 -7.8411474953922655E-01 a      1308     1     8     2    12
 -3.2012084844699762E-01 a      1309     1     8     2    13
  8.4223077027134857E-02 a      1310     1     8     2    14
 -1.3811791526908097E+00 a      1311     1     8     2    15
  2.8849315994616576E-01 a      1312     1     8     2    16
  1.6301901873324500E+00 a      1313     1     8     2    17
 -9.7912603992484870E-01 a      1314     1     8     2    18
 -2.8298512601028858E-01 a      1315     1     9     2     1
 -3.9440698884522118E-01 a      1316     1     9     2     2
 -8.5281487178292439E-02 a      1317     1     9     2     3
 -4.0251623951542836E-01 a      1318     1     9     2     4
 -5.9558513333514931E-02 a      1319     1     9     2     5
  6.2978151488806200E-01 a      1320     1     9     2     6
 -5.0080482644962587E-01 a      1321     1     9     2     7
 -3.4829332970031301E-01 a      1322     1     9     2     8
 -4.6150052538332048E-01 a      1323     1     9     2     9
 -6.6162854022908169E-01 a      1324     1     9     2    10
 -2.1530995671101585E-01 a      1325     1     9     2    11
 -7.4064486244273822E-02 a      1326     1     9     2    12
  3.4055625198433642E-01 a      1327     1     9     2    13
  2.6832586019283505E-03 a      1328     1     9     2    14
 -4.1814697671262058E-01 a      1329     1     9     2    15
 -2.0099008418784972E-01 a      1330     1     9     2    16
  9.4815961432689355E-01 a      1331     1     9     2    17
 -3.9375795817114430E-03 a      1332     1     9     2    18
 -2.6907402580090450E-01 a      1333     1    10     2     1
 -2.4656817607725481E+00 a      1334     1    10     2     2
 -8.2105254017848162E-01 a      1335     1    10     2     3
 -1.1424862813399856E+00 a      1336     1    10     2     4
 -8.5038944822573959E-01 a      1337     1    10     2     5
 -1.2910217351620620E-01 a      1338     1    10     2     6
  1.7131934209691052E-01 a      1339     1    10     2     7
  7.8457419212700963E-01 a      1340     1    10     2     8
  1.6687036372765443E-01 a      1341     1    10     2     9
  4.2036400079207970E-01 a      1342     1    10     2    10
  9.4161365661717969E-02 a      1343     1    10     2    11
  2.1174855268712203E-01 a      1344     1    10     2    12
 -9.9994289786550172E-01 a      1345     1    10     2    13
 -7.1389691477685557E-01 a      1346     1    10     2    14
  4.6389213216431496E-01 a      1347     1    10     2    15
  1.1100371346203692E+00 a      1348     1    10     2    16
 -1.2233019029051846E+00 a      1349     1    10     2    17
 -1.4860206551287369E+00 a      1350     1    10     2    18
  8.9312137941157207E-02 a      1351     1    11     2     1
 -3.1512523830233068E+00 a      1352     1    11     2     2
 -7.7019613873380322E-01 a      1353     1    11     2     3
 -2.0476712670548323E+00 a      1354     1    11     2     4
 -1.0347530023024136E+00 a      1355     1    11     2     5
  8.3859338101151670E-01 a      1356     1    11     2     6
  4.4627209730257378E-01 a      1357     1    11     2     7
  6.3507145493506312E-01 a      1358     1    11     2     8
 -3.6518320079762062E-01 a      1359     1    11     2     9
  5.6633387729265972E-01 a      1360     1    11     2    10
  1.2213830437203745E+00 a      1361     1    11     2    11
  1.0115170368714499E+00 a      1362     1    11     2    12
  2.5899109338380555E-01 a      1363     1    11     2    13
 -2.7815825324399046E-01 a      1364     1    11     2    14
  1.6329700625171719E+00 a      1365     1    11     2    15
 -5.5909408640405134E-01 a      1366     1    11     2    16
  8.7175404276449575E-01 a      1367     1    11     2    17
  6.2041792543258645E-01 a      1368     1    11     2    18
  6.1500436444905993E-01 a      1369     1    12     2     1
 -2.1140312216671084E+00 a      1370     1    12     2     2
  2.5885879378244708E-01 a      1371     1    12     2     3
  4.1653621523083034E-01 a      1372     1    12     2     4
 -2.8772407301691244E-01 a      1373     1    12     2     5
  2.1717643915623572E-01 a      1374     1    12     2     6
 -4.1507886378519265E-01 a      1375     1    12     2     7
 -5.4775495422532280E-02 a      1376     1    12     2     8
 -7.5639435633010821E-01 a      1377     1    12     2     9
 -9.1547633243610294E-01 a      1378     1    12     2    10
  1.1900362533997126E+00 a      1379     1    12     2    11
  4.5027280838832706E-01 a      1380     1    12     2    12
 -7.5357398239923601E-02 a      1381     1    12     2    13
  2.3782243855301491E-01 a      1382     1    12     2    14
 -2.0581330781270762E-01 a      1383     1    12     2    15
  4.5039489142627576E-01 a      1384     1    12     2    16
 -3.4308629766973142E-01 a      1385     1    12     2    17
  7.2557753840757122E-01 a      1386     1    12     2    18
 -6.1290952556169086E-02 a      1387     1    13     2     1
 -1.7131150837612132E+00 a      1388     1    13     2     2
  2.7714909643772845E-01 a      1389     1    13     2     3
 -2.1166781462278009E-01 a      1390     1    13     2     4
  9.6365279212794552E-01 a      1391     1    13     2     5
 -1.0630481646829397E-01 a      1392     1    13     2     6
  2.4740907993043978E-01 a      1393     1    13     2     7
 -5.8761895095923611E-01 a      1394     1    13     2     8
  7.4427288546460546E-01 a      1395     1    13     2     9
  2.1821048821385128E-01 a      1396     1    13     2    10
 -1.0560159316573892E+00 a      1397     1    13     2    11
 -6.7020351755605190E-01 a      1398     1    13     2    12
 -3.7266501769451005E-01 a      1399     1    13     2    13
 -4.6541109499928857E-01 a      1400     1    13     2    14
 -3.3662633601758718E-01 a      1401     1    13     2    15
  7.5981018043058257E-01 a      1402     1    13     2    16
 -1.1107399612227280E+00 a      1403     1    13     2    17
  9.4867799765043703E-01 a      1404     1    13     2    18
 -7.9537380790926948E-01 a      1405     1    14     2     1
  4.9674196419257005E-01 a      1406     1    14     2     2
  3.1110523013453323E-01 a      1407     1    14     2     3
 -1.1744484242425814E+00 a      1408     1    14     2     4
  2.4775753350759600E-01 a      1409     1    14     2     5
 -3.9164444788122410E-01 a      1410     1    14     2     6
 -3.4559493173326045E-01 a      1411     1    14     2     7
  8.7572170402315763E-01 a      1412     1    14     2     8
 -4.4480139686286879E-01 a      1413     1    14     2     9
  1.0173399858397722E-01 a      1414     1    14     2    10
 -9.7340677273584059E-02 a      1415     1    14     2    11
  3.7119660095921353E-01 a      1416     1    14     2    12
  1.3137287605974687E-01 a      1417     1    14     2    13
 -1.0611675926384636E+00 a      1418     1    14     2    14
 -6.4748001099245522E-01 a      1419     1    14     2    15
 -2.1602304124413694E+00 a      1420     1    14     2    16
 -2.4155751325877561E-01 a      1421     1    14     2    17
  1.6805059610067208E-01 a      1422     1    14     2    18
 -4.9905550590193792E-01 a      1423     1    15     2     1
  9.2125636658311283E-01 a      1424     1    15     2     2
 -5.1364030343727130E-01 a      1425     1    15     2     3
  8.0323135258404954E-01 a      1426     1    15     2     4
  1.0815699125054161E+00 a      1427     1    15     2     5
  3.8152981242164080E-01 a      1428     1    15     2     6
 -2.9885515921180544E-01 a      1429     1    15     2     7
 -2.5856206200460430E-01 a      1430     1    15     2     8
  1.6382718973504179E-01 a      1431     1    15     2     9
 -2.4454150023916249E-01 a      1432     1    15     2    10
  3.4637786025113237E-01 a      1433     1    15     2    11
 -7.7870930393716634E-02 a      1434     1    15     2    12
  2.0676732152046859E-01 a      1435     1    15     2    13
 -8.4318951374227430E-02 a      1436     1    15     2    14
 -4.4320840977981191E-01 a      1437     1    15     2    15
 -2.2675092641709763E-01 a      1438     1    15     2    16
 -1.6994857981258785E-02 a      1439     1    15     2    17
 -6.4198086247339170E-01 a      1440     1    15     2    18
  3.5372180823988553E-01 a      1441     1    16     2     1
  2.7373867775289151E-01 a      1442     1    16     2     2
 -2.4287534339166178E-01 a      1443     1    16     2     3
 -9.8868772980925079E-01 a      1444     1    16     2     4
 -6.6935958516302096E-01 a      1445     1    16     2     5
 -2.6258844178511753E-01 a      1446     1    16     2     6
 -3.0237122336952105E-01 a      1447     1    16     2     7
  3.3221778125205792E-01 a      1448     1    16     2     8
 -6.4056846307450710E-01 a      1449     1    16     2     9
 -2.8912145606816847E-02 a      1450     1    16     2    10
 -9.1176740707980861E-02 a      1451     1    16     2    11
  1.4949425601808664E-01 a      1452     1    16     2    12
 -1.7530224713859993E-01 a      1453     1    16     2    13
  6.4977791624750769E-01 a      1454     1    16     2    14
  3.1455423273327447E-02 a      1455     1    16     2    15
 -9.3690647995261400E-01 a      1456     1    16     2    16
 -2.2015730406196396E-01 a      1457     1    16     2    17
 -4.1608250934349683E-01 a      1458     1    16     2    18
  5.4064528928169063E-02 a      1459     1    17     2     1
  1.0330208135951171E+00 a      1460     1    17     2     2
 -5.7641533776687137E-01 a      1461     1    17     2     3
 -7.2534620363736546E-01 a      1462     1    17     2     4
 -1.8252065536652283E-02 a      1463     1    17     2     5
  2.3073686599467952E-01 a      1464     1    17     2     6
 -6.6520269296545076E-01 a      1465     1    17     2     7
  5.4702872940751701E-01 a      1466     1    17     2     8
 -2.4407704763464216E-01 a      1467     1    17     2     9
  1.3145886680965924E-01 a      1468     1    17     2    10
  8.4148990309359083E-03 a      1469     1    17     2    11
  1.3519331927923697E-01 a      1470     1    17     2    12
  3.8837716549432987E-02 a      1471     1    17     2    13
 -3.0249169447314365E-02 a      1472     1    17     2    14
  5.6795463142096103E-02 a      1473     1    17     2    15
 -1.3714563281330354E+00 a      1474     1    17     2    16
 -1.8546389577973060E-01 a      1475     1    17     2    17
 -1.2711082613940521E+00 a      1476     1    17     2    18
 -5.0263358103108846E-01 a      1477     1    18     2     1
 -1.1606205234993439E+00 a      1478     1    18     2     2
 -1.8746918956805905E-01 a      1479     1    18     2     3
 -3.6837612048650270E-01 a      1480     1    18     2     4
 -8.0163480918221675E-01 a      1481     1    18     2     5
 -7.1100378205637094E-01 a      1482     1    18     2     6
  7.1314658664670250E-01 a      1483     1    18     2     7
  3.4605388841925944E-01 a      1484     1    18     2     8
  4.5796788406199673E-01 a      1485     1    18     2     9
  6.1740290943893028E-01 a      1486     1    18     2    10
  3.8871926083680525E-01 a      1487     1    18     2    11
  1.4463737138039498E-01 a      1488     1    18     2    12
 -7.0344672801752284E-01 a      1489     1    18     2    13
 -5.0517778677982728E-03 a      1490     1    18     2    14
  9.2758559469430707E-02 a      1491     1    18     2    15
 -3.8421031900994251E-01 a      1492     1    18     2    16
 -1.2945696864105624E-01 a      1493     1    18     2    17
  5.7779842409512311E-02 a      1494     1    18     2    18
 -1.8548369614216467E+00 b      1495     2     1
  2.4736175539228786E-02 b      1496     2     2
  4.9684190338898365E-01 b      1497     2     3
  1.3620560076508151E-01 b      1498     2     4
  1.8149924301396905E+00 b      1499     2     5
 -7.5905188919719896E-02 b      1500     2     6
 -8.8157935339357618E-01 b      1501     2     7
  7.6039766639850781E-01 b      1502     2     8
  6.1316051518007486E-01 b      1503     2     9
  5.9564290697753181E-02 b      1504     2    10
 -1.0315926494569805E-01 b      1505     2    11
  6.7307750526446120E-01 b      1506     2    12
 -2.1929760016717781E-01 b      1507     2    13
 -8.9779097487013892E-01 b      1508     2    14
 -3.4491112311618061E-01 b      1509     2    15
  1.1344876938722319E+00 b      1510     2    16
  9.7200111928109423E-01 b      1511     2    17
 -2.1582892652494870E-01 b      1512     2    18
  1.4936488910143952E+00 a      1513     2     1     3     1
  2.2593949694921733E-01 a      1514     2     2     3     1
  1.5459836193213791E-01 a      1515     2     3     3     1
  1.5080309204918141E+00 a      1516     2     4     3     1
 -8.6178474218322657E-02 a      1517     2     5     3     1
  4.1627592936591538E-02 a      1518     2     6     3     1
 -1.3266138312405240E+00 a      1519     2     7     3     1
  1.3994514732457328E-01 a      1520     2     8     3     1
  3.4760953628911989E-01 a      1521     2     9     3     1
 -2.5733588174292260E-01 a      1522     2    10     3     1
  4.3885711350488098E-02 a      1523     2    11     3     1
 -3.0091369692086772E-01 a      1524     2    12     3     1
  8.0483035194439190E-01 a      1525     2    13     3     1
 -4.8801370212287098E-01 a      1526     2    14     3     1
 -7.9933547425478230E-02 a      1527     2    15     3     1
  1.2751674855269353E-03 a      1528     2    16     3     1
 -1.7988516835888604E-02 a      1529     2    17     3     1
 -3.3177993403729074E-02 a      1530     2    18     3     1
 -1.7033143466490352E-01 b      1531     3     1
