################################################################################
# Neural network connection values (weights and biases).
################################################################################
# Col  Name       Description
################################################################################
# 1    connection Neural network connection value.
# 2    t          Connection type (a = weight, b = bias).
# 3    index      Index enumerating weights.
# 4    l_s        Starting point layer (end point layer for biases).
# 5    n_s        Starting point neuron in starting layer (end point neuron for biases).
# 6    l_e        End point layer.
# 7    n_e        End point neuron in end layer.
################################################################################
#                      1 2         3     4     5     6     7
#             connection t     index   l_s   n_s   l_e   n_e
############################################################
  3.0959002261626529E+00 a         1     0     1     1     1
 -2.7805489019418754E+00 a         2     0     1     1     2
  1.8523030018603548E+00 a         3     0     1     1     3
 -3.2790820551922826E+00 a         4     0     1     1     4
  2.2035469520342348E+00 a         5     0     1     1     5
 -1.6159214041794076E-01 a         6     0     1     1     6
 -1.0029885929096718E+00 a         7     0     1     1     7
  2.6299498860134389E+00 a         8     0     1     1     8
 -1.2725936585360198E+00 a         9     0     1     1     9
 -2.6080781602219920E+00 a        10     0     1     1    10
 -1.4160455885649534E+00 a        11     0     1     1    11
  3.6874374077257706E+00 a        12     0     1     1    12
 -9.1159637228041634E-01 a        13     0     1     1    13
 -1.5411047310103489E+00 a        14     0     1     1    14
 -8.9234436295309538E-01 a        15     0     1     1    15
  3.0582017215337304E-01 a        16     0     1     1    16
  5.9315888566925357E-01 a        17     0     1     1    17
  1.4854886262116704E+00 a        18     0     1     1    18
  1.5714646620952648E+00 a        19     0     1     1    19
  1.6348608705292850E-01 a        20     0     1     1    20
  9.7876090217977274E-01 a        21     0     1     1    21
  4.8785119709972063E-01 a        22     0     1     1    22
  8.7823724548207660E-01 a        23     0     1     1    23
  1.7662246603559523E-01 a        24     0     1     1    24
  6.8655216011603111E+00 a        25     0     2     1     1
 -2.4459474104009304E+00 a        26     0     2     1     2
 -1.0126927011462568E+01 a        27     0     2     1     3
  3.6980334286097682E+00 a        28     0     2     1     4
  7.4687468398836678E+00 a        29     0     2     1     5
 -1.6835113007326850E+00 a        30     0     2     1     6
  4.8359858676077065E+00 a        31     0     2     1     7
  1.9885710460075514E+00 a        32     0     2     1     8
 -2.7497447926840062E+00 a        33     0     2     1     9
  6.2163003877374461E+00 a        34     0     2     1    10
  1.9009635607971100E+00 a        35     0     2     1    11
 -1.2380582890106466E+00 a        36     0     2     1    12
 -3.4037542011496630E-01 a        37     0     2     1    13
  8.1603515150707668E+00 a        38     0     2     1    14
 -1.1327819440344109E+01 a        39     0     2     1    15
 -3.4547872358548783E+00 a        40     0     2     1    16
  6.8438035072070633E+00 a        41     0     2     1    17
  1.2160163709111853E+01 a        42     0     2     1    18
 -2.9019686247992333E+00 a        43     0     2     1    19
 -1.4924088367601094E+01 a        44     0     2     1    20
  7.6750127961307180E-01 a        45     0     2     1    21
 -1.4559999019369907E+00 a        46     0     2     1    22
 -6.8615783428386994E+00 a        47     0     2     1    23
 -3.9937586784665919E+00 a        48     0     2     1    24
 -2.0270946483485601E+00 a        49     0     3     1     1
 -7.0533460648053170E+00 a        50     0     3     1     2
  3.8430416169237649E+00 a        51     0     3     1     3
 -5.2547640776816706E+00 a        52     0     3     1     4
  1.4912636524244189E+00 a        53     0     3     1     5
  3.2199371091181948E+00 a        54     0     3     1     6
 -5.4613774835788718E+00 a        55     0     3     1     7
  7.1570248884681140E+00 a        56     0     3     1     8
 -7.9303892529156936E+00 a        57     0     3     1     9
 -5.3266262792935750E+00 a        58     0     3     1    10
  2.3012909027569366E+00 a        59     0     3     1    11
  1.2668807743665680E+00 a        60     0     3     1    12
 -3.9781677220840264E+00 a        61     0     3     1    13
 -5.2134363050603199E+00 a        62     0     3     1    14
  2.3074357428749437E+00 a        63     0     3     1    15
 -6.3808931601829668E+00 a        64     0     3     1    16
  4.7381687118604408E+00 a        65     0     3     1    17
 -1.1225003673589924E+01 a        66     0     3     1    18
 -5.5706453694117473E+00 a        67     0     3     1    19
  8.5405194437920660E+00 a        68     0     3     1    20
  4.7435837081212648E+00 a        69     0     3     1    21
 -7.0346992825782264E+00 a        70     0     3     1    22
  2.5345278185502851E+00 a        71     0     3     1    23
  4.7822422531197584E-01 a        72     0     3     1    24
 -8.5536433637759419E+00 a        73     0     4     1     1
  2.2666828586580667E+00 a        74     0     4     1     2
  9.2800309719865659E+00 a        75     0     4     1     3
 -3.4373322744525829E+00 a        76     0     4     1     4
 -8.1351532047858210E+00 a        77     0     4     1     5
  1.4115147739748326E+00 a        78     0     4     1     6
 -3.5549896014658482E+00 a        79     0     4     1     7
 -2.1045380584794140E+00 a        80     0     4     1     8
  6.0295982911718466E+00 a        81     0     4     1     9
 -6.3727591423291035E+00 a        82     0     4     1    10
 -4.7769794846004761E+00 a        83     0     4     1    11
  3.7776636649832135E-01 a        84     0     4     1    12
  1.2689867713728460E+00 a        85     0     4     1    13
 -1.0967047785376863E+01 a        86     0     4     1    14
  1.1467184902920810E+01 a        87     0     4     1    15
  7.1418999825489573E+00 a        88     0     4     1    16
 -6.2038303195102635E+00 a        89     0     4     1    17
 -1.2711727352687026E+01 a        90     0     4     1    18
  1.5632598821313410E+00 a        91     0     4     1    19
  1.8526621710174130E+01 a        92     0     4     1    20
 -1.1433164396127438E-01 a        93     0     4     1    21
  2.3863155999988024E+00 a        94     0     4     1    22
  8.4597947381708014E+00 a        95     0     4     1    23
  5.0334658264871823E+00 a        96     0     4     1    24
  5.5943179884635663E-01 a        97     0     5     1     1
  5.1263221256141982E+00 a        98     0     5     1     2
 -6.2212695021329578E+00 a        99     0     5     1     3
  3.2807978118940220E+00 a       100     0     5     1     4
 -6.4710952850640946E-01 a       101     0     5     1     5
 -3.2390126959308296E+00 a       102     0     5     1     6
  8.0851372153146883E+00 a       103     0     5     1     7
 -6.9763334615239589E+00 a       104     0     5     1     8
  6.4229654671063132E+00 a       105     0     5     1     9
  8.0283268419309053E+00 a       106     0     5     1    10
 -2.8919687876428606E+00 a       107     0     5     1    11
 -1.8482471192256602E+00 a       108     0     5     1    12
  1.3977028178740285E+00 a       109     0     5     1    13
  4.7041323153203773E+00 a       110     0     5     1    14
 -5.9703456121039746E+00 a       111     0     5     1    15
  7.4943438581577908E+00 a       112     0     5     1    16
 -4.3627192074446191E+00 a       113     0     5     1    17
  1.5292894466495778E+01 a       114     0     5     1    18
  1.2054104540894695E+00 a       115     0     5     1    19
 -5.2640186037293022E+00 a       116     0     5     1    20
 -6.0458381052970580E+00 a       117     0     5     1    21
  8.9531686106154549E+00 a       118     0     5     1    22
 -4.1535629966061405E-01 a       119     0     5     1    23
 -1.6994277808254865E+00 a       120     0     5     1    24
 -2.5697837637733638E+00 a       121     0     6     1     1
  2.3450673699850859E+00 a       122     0     6     1     2
 -1.3040361096580331E+00 a       123     0     6     1     3
  2.6527689123324381E+00 a       124     0     6     1     4
 -1.4801616066394530E+00 a       125     0     6     1     5
 -6.4158327959810335E-01 a       126     0     6     1     6
  1.2004353751755588E+00 a       127     0     6     1     7
 -2.1644427001669535E+00 a       128     0     6     1     8
  1.4527818806815895E+00 a       129     0     6     1     9
  2.4773119515185473E+00 a       130     0     6     1    10
  4.3462020152092018E-01 a       131     0     6     1    11
 -3.3806324074221887E+00 a       132     0     6     1    12
 -2.4717043180722401E-01 a       133     0     6     1    13
  1.2289564058799403E+00 a       134     0     6     1    14
  1.1481719169513709E+00 a       135     0     6     1    15
 -1.9866897029075115E-01 a       136     0     6     1    16
 -7.9888073802384763E-01 a       137     0     6     1    17
 -5.8786606378140238E-01 a       138     0     6     1    18
 -2.3623957229970851E+00 a       139     0     6     1    19
  4.1225130982942321E-01 a       140     0     6     1    20
 -6.4108471339718021E-01 a       141     0     6     1    21
  1.6378124045629716E-01 a       142     0     6     1    22
 -6.8239263771167413E-01 a       143     0     6     1    23
  3.9774943422846459E-01 a       144     0     6     1    24
  2.0006119126913626E+00 a       145     0     7     1     1
 -6.3755934254018010E-01 a       146     0     7     1     2
 -1.5507748351147379E+00 a       147     0     7     1     3
  8.9778987987732262E-01 a       148     0     7     1     4
  2.0502170962191690E+00 a       149     0     7     1     5
 -1.6553864074345662E-01 a       150     0     7     1     6
 -1.2088112909198476E-01 a       151     0     7     1     7
  3.8400558302092497E-01 a       152     0     7     1     8
 -2.2263527950037107E+00 a       153     0     7     1     9
  7.6328650706409484E-01 a       154     0     7     1    10
  1.4091389977179369E+00 a       155     0     7     1    11
  6.6866136686168320E-01 a       156     0     7     1    12
  1.2393579979838480E-01 a       157     0     7     1    13
  2.8219999273667229E+00 a       158     0     7     1    14
 -2.3406287057014170E+00 a       159     0     7     1    15
 -2.8497246961884897E+00 a       160     0     7     1    16
  4.5763879165605198E-01 a       161     0     7     1    17
  2.8914329203583402E+00 a       162     0     7     1    18
  1.0471878259016644E-01 a       163     0     7     1    19
 -4.4726424490719294E+00 a       164     0     7     1    20
 -5.3396538310246947E-02 a       165     0     7     1    21
 -7.9678696772704216E-01 a       166     0     7     1    22
 -2.0157886964277494E+00 a       167     0     7     1    23
 -1.4336863690537114E+00 a       168     0     7     1    24
  2.7349251387566298E-01 a       169     0     8     1     1
 -5.8675366759003800E-01 a       170     0     8     1     2
  2.0527253744671348E+00 a       171     0     8     1     3
  6.0560526752582770E-02 a       172     0     8     1     4
 -4.9062727351450280E-01 a       173     0     8     1     5
  1.0348946804116719E+00 a       174     0     8     1     6
 -2.7288000562283825E+00 a       175     0     8     1     7
  1.5754350556248278E+00 a       176     0     8     1     8
 -4.9969670375418218E-01 a       177     0     8     1     9
 -2.7352822820104592E+00 a       178     0     8     1    10
  9.2114202909049026E-01 a       179     0     8     1    11
  9.8047205132200188E-01 a       180     0     8     1    12
  1.1611711901178055E+00 a       181     0     8     1    13
 -8.2789585812446620E-01 a       182     0     8     1    14
  2.4614606097656444E+00 a       183     0     8     1    15
 -1.9465357960888325E+00 a       184     0     8     1    16
  4.9917047035056739E-01 a       185     0     8     1    17
 -3.5065048737734514E+00 a       186     0     8     1    18
  1.9598918432830892E+00 a       187     0     8     1    19
 -3.5784586254930600E-01 a       188     0     8     1    20
  7.2603776194055425E-01 a       189     0     8     1    21
 -2.1968719339018961E+00 a       190     0     8     1    22
 -6.3693595989443441E-01 a       191     0     8     1    23
  9.3990474597395701E-01 a       192     0     8     1    24
  8.5179285745572819E-01 a       193     0     9     1     1
 -1.1204495025558867E+00 a       194     0     9     1     2
  3.5444573659826178E-01 a       195     0     9     1     3
 -9.7265550308119975E-01 a       196     0     9     1     4
  4.6686942781315899E-01 a       197     0     9     1     5
  2.7203349155108064E-01 a       198     0     9     1     6
 -5.6920149833281297E-01 a       199     0     9     1     7
  7.4952062561037125E-01 a       200     0     9     1     8
 -5.3105755261324172E-01 a       201     0     9     1     9
 -1.1131197318558899E+00 a       202     0     9     1    10
 -1.5547046461387476E-01 a       203     0     9     1    11
  1.4658154172080446E+00 a       204     0     9     1    12
  3.0810453612379207E-01 a       205     0     9     1    13
 -6.8189968052174421E-01 a       206     0     9     1    14
 -6.3611078081037697E-01 a       207     0     9     1    15
  3.5443151154901137E-01 a       208     0     9     1    16
 -4.4487665433525753E-02 a       209     0     9     1    17
  3.4878110555893593E-01 a       210     0     9     1    18
  1.1199186386350035E+00 a       211     0     9     1    19
 -2.0561613984283114E-01 a       212     0     9     1    20
  8.1971841598820414E-02 a       213     0     9     1    21
 -8.5997894662224267E-02 a       214     0     9     1    22
  5.0411134489189346E-01 a       215     0     9     1    23
 -5.9827577681595601E-01 a       216     0     9     1    24
 -6.9020511623989309E+00 a       217     0    10     1     1
 -1.4468417845547119E+00 a       218     0    10     1     2
  2.5086558053995578E+00 a       219     0    10     1     3
  5.7945343418976485E+00 a       220     0    10     1     4
 -1.2331085459986856E+01 a       221     0    10     1     5
  1.4299080347924722E+01 a       222     0    10     1     6
 -1.3397163763142803E+00 a       223     0    10     1     7
 -2.7314127742696042E+00 a       224     0    10     1     8
 -3.4833949980569967E-01 a       225     0    10     1     9
  7.3247634376986621E+00 a       226     0    10     1    10
  7.7937624571080457E+00 a       227     0    10     1    11
 -3.0732999760306107E-02 a       228     0    10     1    12
  1.1689158897924209E+01 a       229     0    10     1    13
  1.2375638967492415E+00 a       230     0    10     1    14
  9.6372151568498055E-01 a       231     0    10     1    15
 -1.0503122080581818E+01 a       232     0    10     1    16
  1.8858990437858083E+00 a       233     0    10     1    17
 -7.3558431781083193E+00 a       234     0    10     1    18
 -1.3677555395242544E-01 a       235     0    10     1    19
 -4.9775311059562961E+00 a       236     0    10     1    20
 -5.7639494294665132E+00 a       237     0    10     1    21
 -1.0949793936230303E+00 a       238     0    10     1    22
 -8.6479884649379972E+00 a       239     0    10     1    23
 -1.5414104285567123E+00 a       240     0    10     1    24
 -3.1943110740738510E+00 a       241     0    11     1     1
  5.2055656819681824E+00 a       242     0    11     1     2
  2.5315706925361932E+00 a       243     0    11     1     3
 -1.3502506064261759E+01 a       244     0    11     1     4
 -2.8238401302707166E+00 a       245     0    11     1     5
  4.5032820922678690E-01 a       246     0    11     1     6
  7.1059602180675832E+00 a       247     0    11     1     7
 -2.7261350456873332E+00 a       248     0    11     1     8
 -4.0229972269362211E+00 a       249     0    11     1     9
 -5.2402140516774240E+00 a       250     0    11     1    10
  2.0520160269528596E+00 a       251     0    11     1    11
  1.0213820413521285E+01 a       252     0    11     1    12
 -9.2127685232497214E+00 a       253     0    11     1    13
  1.1316984415660634E+00 a       254     0    11     1    14
  3.1226249889483713E+00 a       255     0    11     1    15
 -2.1214634577077116E+00 a       256     0    11     1    16
 -1.8993576042786535E+00 a       257     0    11     1    17
 -7.2089566406675711E+00 a       258     0    11     1    18
  3.6607389721589669E+00 a       259     0    11     1    19
 -2.2705893889651318E+00 a       260     0    11     1    20
 -2.4440062159061045E+00 a       261     0    11     1    21
  7.6242739625690403E-01 a       262     0    11     1    22
  6.2884167640638955E-01 a       263     0    11     1    23
  5.2295035404747559E+00 a       264     0    11     1    24
  2.8012801477622160E+00 a       265     0    12     1     1
  3.7457921614430307E+00 a       266     0    12     1     2
  8.1859801253179203E+00 a       267     0    12     1     3
  1.5617343938189737E+01 a       268     0    12     1     4
  4.3086880773122491E+00 a       269     0    12     1     5
 -8.8518918669920215E+00 a       270     0    12     1     6
  9.1577029274123287E+00 a       271     0    12     1     7
  3.9034459256239957E+00 a       272     0    12     1     8
  3.6134324411949641E+00 a       273     0    12     1     9
 -2.3051166053473575E+00 a       274     0    12     1    10
 -7.4767680757546602E+00 a       275     0    12     1    11
 -1.0089653016752230E+01 a       276     0    12     1    12
  1.4054450776738772E+01 a       277     0    12     1    13
  8.1777604128549911E-02 a       278     0    12     1    14
  9.3596688156850050E+00 a       279     0    12     1    15
  2.3148984548846960E+00 a       280     0    12     1    16
 -1.6468228691984053E+00 a       281     0    12     1    17
 -3.2443580585207070E+00 a       282     0    12     1    18
 -1.0217128915507761E+01 a       283     0    12     1    19
 -5.7282265172463542E-01 a       284     0    12     1    20
  1.2356804748606763E+01 a       285     0    12     1    21
 -2.6303176752816939E+00 a       286     0    12     1    22
 -1.1685773505561915E+01 a       287     0    12     1    23
 -7.8627682521627507E-01 a       288     0    12     1    24
  1.0496530462029348E+00 a       289     0    13     1     1
 -2.3261862278945382E+00 a       290     0    13     1     2
  6.7556680458787965E-01 a       291     0    13     1     3
  1.3385357084608467E+00 a       292     0    13     1     4
 -4.3099848868006569E+00 a       293     0    13     1     5
  1.8011376906340715E+01 a       294     0    13     1     6
  7.8959071242359009E+00 a       295     0    13     1     7
  1.8050940801019975E+00 a       296     0    13     1     8
 -1.1088308137857563E+00 a       297     0    13     1     9
 -8.5775187357586025E-01 a       298     0    13     1    10
 -6.1982692721727839E-01 a       299     0    13     1    11
  4.2255990594733861E+00 a       300     0    13     1    12
 -1.7014567323770436E+01 a       301     0    13     1    13
 -3.3508817556191191E+00 a       302     0    13     1    14
 -1.0800497656478118E+01 a       303     0    13     1    15
  3.5578736277686462E+00 a       304     0    13     1    16
 -3.8634619793046893E-01 a       305     0    13     1    17
 -7.3092678488259266E-01 a       306     0    13     1    18
 -1.6348084243870126E+01 a       307     0    13     1    19
 -3.7998453719347540E+00 a       308     0    13     1    20
  2.2310654925994204E+00 a       309     0    13     1    21
  1.5327066476277957E+00 a       310     0    13     1    22
  4.1078390468805352E+00 a       311     0    13     1    23
  2.2489652386517275E+01 a       312     0    13     1    24
 -2.6744385475011673E-01 a       313     0    14     1     1
 -6.2360401424964085E+00 a       314     0    14     1     2
  9.0648456305855838E+00 a       315     0    14     1     3
  1.2150253848729143E+01 a       316     0    14     1     4
  8.1654788822977924E+00 a       317     0    14     1     5
 -5.5524711202882413E+00 a       318     0    14     1     6
  1.9046372598118293E+01 a       319     0    14     1     7
  1.3202518431214025E+00 a       320     0    14     1     8
 -7.0292738294548474E-01 a       321     0    14     1     9
 -4.3455389531421691E+00 a       322     0    14     1    10
  7.1270353515937384E+00 a       323     0    14     1    11
 -8.6899544389278844E+00 a       324     0    14     1    12
  6.6280732417603101E+00 a       325     0    14     1    13
  9.8574148645948263E+00 a       326     0    14     1    14
  4.7882401135164336E+00 a       327     0    14     1    15
 -5.6522896805765530E+00 a       328     0    14     1    16
 -9.3165501465993472E+00 a       329     0    14     1    17
 -1.4253870885778233E+00 a       330     0    14     1    18
 -7.3695635815163278E+00 a       331     0    14     1    19
  4.1489886807429599E+00 a       332     0    14     1    20
  1.7607228417395614E+01 a       333     0    14     1    21
 -1.0174582810659979E+01 a       334     0    14     1    22
 -1.5848295063423107E+01 a       335     0    14     1    23
  4.3388956850089802E+00 a       336     0    14     1    24
  1.0027227346359788E+00 a       337     0    15     1     1
 -6.1286846701550590E-01 a       338     0    15     1     2
 -9.8122335296420164E+00 a       339     0    15     1     3
 -4.5485690615662246E+00 a       340     0    15     1     4
  4.4115277422951422E-03 a       341     0    15     1     5
  4.7468272566018079E+00 a       342     0    15     1     6
 -6.8715856297160878E+00 a       343     0    15     1     7
  3.8968303159378941E+00 a       344     0    15     1     8
 -6.7665618143177024E+00 a       345     0    15     1     9
 -1.0025763841278684E+01 a       346     0    15     1    10
 -1.1623217931131707E+01 a       347     0    15     1    11
  9.5361385484073058E-01 a       348     0    15     1    12
  5.6445016347234418E+00 a       349     0    15     1    13
 -1.1676447741347502E+01 a       350     0    15     1    14
 -1.9639838043517896E-01 a       351     0    15     1    15
 -9.2717431540413442E-01 a       352     0    15     1    16
  1.1804293753625490E+01 a       353     0    15     1    17
 -1.8320756164287448E+00 a       354     0    15     1    18
 -5.9637084662447859E-01 a       355     0    15     1    19
  1.6156002642548195E+00 a       356     0    15     1    20
  1.5487716200809636E+00 a       357     0    15     1    21
  6.4066269110458256E+00 a       358     0    15     1    22
 -1.2968422067581463E+01 a       359     0    15     1    23
 -9.5419445780037044E+00 a       360     0    15     1    24
  2.1489565618321440E+00 a       361     0    16     1     1
 -7.1438228540548177E-01 a       362     0    16     1     2
 -4.6515404122485071E+00 a       363     0    16     1     3
 -2.1279480583907676E-01 a       364     0    16     1     4
  2.6465101404141769E+00 a       365     0    16     1     5
  1.9744758531759132E-01 a       366     0    16     1     6
  4.2054891464119564E+00 a       367     0    16     1     7
 -1.4385612653930353E+00 a       368     0    16     1     8
  1.7038735765583843E+00 a       369     0    16     1     9
  3.0668104645894548E-02 a       370     0    16     1    10
 -5.7856963188438586E+00 a       371     0    16     1    11
  2.4723426607087253E+00 a       372     0    16     1    12
  8.1527844352195844E-01 a       373     0    16     1    13
 -2.5594301971080777E+00 a       374     0    16     1    14
 -7.4652872937916452E+00 a       375     0    16     1    15
  2.9254633583285217E+00 a       376     0    16     1    16
  2.3496175589860826E+00 a       377     0    16     1    17
  4.9099596927779512E+00 a       378     0    16     1    18
 -2.0694215181226824E-01 a       379     0    16     1    19
 -3.1566330165652285E+00 a       380     0    16     1    20
  2.0317051989505619E+00 a       381     0    16     1    21
  2.1791316956548838E+00 a       382     0    16     1    22
 -9.1033108840139665E-01 a       383     0    16     1    23
  2.1329797891057152E+00 a       384     0    16     1    24
 -6.2993167942974118E-02 a       385     0    17     1     1
 -2.6217526733458035E-01 a       386     0    17     1     2
 -2.5009189926457789E+00 a       387     0    17     1     3
 -1.1312586047357027E+00 a       388     0    17     1     4
  1.3900599079684621E+00 a       389     0    17     1     5
  5.2187907123132460E-01 a       390     0    17     1     6
 -5.3817327825976635E-01 a       391     0    17     1     7
  5.9806559958918681E-01 a       392     0    17     1     8
 -1.1670749824087618E+00 a       393     0    17     1     9
 -2.1724982540964421E+00 a       394     0    17     1    10
 -1.4322672071886033E+00 a       395     0    17     1    11
  3.3491889716628109E+00 a       396     0    17     1    12
  1.3736601433683537E+00 a       397     0    17     1    13
 -2.0818101332440730E+00 a       398     0    17     1    14
  1.4108487893836728E+00 a       399     0    17     1    15
  5.4517141409070136E-01 a       400     0    17     1    16
  2.3216072478193306E+00 a       401     0    17     1    17
 -2.7389683878845439E-01 a       402     0    17     1    18
  1.1503218507064275E+00 a       403     0    17     1    19
  6.2697282179792468E-01 a       404     0    17     1    20
 -9.7479946461398437E-01 a       405     0    17     1    21
  1.3183491393547058E+00 a       406     0    17     1    22
 -2.3200891753864603E+00 a       407     0    17     1    23
 -3.4025383287503672E+00 a       408     0    17     1    24
  6.7237557105447132E-01 a       409     0    18     1     1
  8.3082416884399241E-02 a       410     0    18     1     2
 -4.6263685729902839E+00 a       411     0    18     1     3
  1.3272126199449126E+00 a       412     0    18     1     4
  2.7568923244168886E+00 a       413     0    18     1     5
  7.4344316813516809E-01 a       414     0    18     1     6
  2.0325414901793590E+00 a       415     0    18     1     7
 -9.2001542779463027E-02 a       416     0    18     1     8
 -2.8386213743188110E-01 a       417     0    18     1     9
  5.4291844380414767E-01 a       418     0    18     1    10
 -2.7011365948166901E+00 a       419     0    18     1    11
  1.6369680450813999E+00 a       420     0    18     1    12
  1.2876446616840529E+00 a       421     0    18     1    13
 -6.9228411116947453E-01 a       422     0    18     1    14
 -2.3392099416453154E+00 a       423     0    18     1    15
  1.0554916650613642E+00 a       424     0    18     1    16
  2.5800292590370349E-01 a       425     0    18     1    17
  2.2870974724783921E+00 a       426     0    18     1    18
  3.4684075783979540E-01 a       427     0    18     1    19
 -8.4797322620952020E-01 a       428     0    18     1    20
  9.2290712644830553E-01 a       429     0    18     1    21
  8.6919497339126406E-01 a       430     0    18     1    22
 -1.3243996479723547E-01 a       431     0    18     1    23
 -6.5812765455736766E-01 a       432     0    18     1    24
 -6.9341655360161802E-01 a       433     0    19     1     1
 -4.5940674986586050E+00 a       434     0    19     1     2
  5.5708503772167905E-01 a       435     0    19     1     3
 -1.5965588200302381E+00 a       436     0    19     1     4
  1.8925884254593235E+00 a       437     0    19     1     5
 -2.0549398129945322E+00 a       438     0    19     1     6
  3.9167887481808372E+00 a       439     0    19     1     7
  8.1531710475976260E-01 a       440     0    19     1     8
 -7.2029506682300759E-01 a       441     0    19     1     9
  1.5701673395572693E+00 a       442     0    19     1    10
 -7.1491153740795010E-02 a       443     0    19     1    11
 -7.9642421174733902E-01 a       444     0    19     1    12
 -1.8058624958619176E+00 a       445     0    19     1    13
 -5.5174895092302256E-01 a       446     0    19     1    14
 -2.1653342135050861E+00 a       447     0    19     1    15
 -1.7999930452129413E+00 a       448     0    19     1    16
 -3.3713783742050469E+00 a       449     0    19     1    17
  2.5719248410690581E+00 a       450     0    19     1    18
 -1.0783452326207337E+00 a       451     0    19     1    19
  2.3103758333121669E+00 a       452     0    19     1    20
  1.3370198043257431E+00 a       453     0    19     1    21
 -1.0499837777055231E-01 a       454     0    19     1    22
 -2.7438544949896632E-01 a       455     0    19     1    23
 -1.2928068472264556E+00 a       456     0    19     1    24
  1.0975545560655370E+01 a       457     0    20     1     1
  1.0414296478427998E+01 a       458     0    20     1     2
 -1.0284608397572988E+01 a       459     0    20     1     3
 -9.7610268633479276E+00 a       460     0    20     1     4
  2.4915676237700094E+01 a       461     0    20     1     5
 -3.5867375339032932E+01 a       462     0    20     1     6
  4.9796826580049164E-01 a       463     0    20     1     7
  4.6243225885420491E+00 a       464     0    20     1     8
  5.1057035624373326E-01 a       465     0    20     1     9
 -1.3358096498488537E+01 a       466     0    20     1    10
 -1.3850314813872368E+01 a       467     0    20     1    11
 -1.1376317469048914E+01 a       468     0    20     1    12
 -2.7939554194272670E+01 a       469     0    20     1    13
 -3.3549393942091319E+00 a       470     0    20     1    14
  8.1262825357887958E-01 a       471     0    20     1    15
  2.8894620154383464E+01 a       472     0    20     1    16
 -4.0609565974458475E+00 a       473     0    20     1    17
  1.2247791912499347E+01 a       474     0    20     1    18
 -2.0196463032968874E+00 a       475     0    20     1    19
  7.7211828968088634E+00 a       476     0    20     1    20
  1.4616353013411208E+01 a       477     0    20     1    21
 -8.7484591203615503E-01 a       478     0    20     1    22
  1.5882585547274804E+01 a       479     0    20     1    23
  1.2366407081016189E+00 a       480     0    20     1    24
  2.5524256776711485E+00 a       481     0    21     1     1
 -6.8841451268248735E+00 a       482     0    21     1     2
  9.3250751191854651E+00 a       483     0    21     1     3
  2.2991910860275652E+01 a       484     0    21     1     4
 -1.7606077926678438E+00 a       485     0    21     1     5
 -7.3603001400404000E-01 a       486     0    21     1     6
 -2.7717186909982839E+01 a       487     0    21     1     7
  7.9771396769482434E+00 a       488     0    21     1     8
  3.8827296244039204E+00 a       489     0    21     1     9
  5.0227374585299254E+00 a       490     0    21     1    10
  4.0326435488322341E+00 a       491     0    21     1    11
 -2.1472946655619808E+01 a       492     0    21     1    12
  2.1039250879361990E+01 a       493     0    21     1    13
 -1.3151807135343825E+00 a       494     0    21     1    14
  1.1882162854961173E+01 a       495     0    21     1    15
 -1.3956223129511061E+00 a       496     0    21     1    16
 -1.9084974715316565E+00 a       497     0    21     1    17
  6.3698214537605917E+00 a       498     0    21     1    18
 -1.5419029786800620E+00 a       499     0    21     1    19
  1.1982809281114955E+01 a       500     0    21     1    20
  3.8856485345996710E+00 a       501     0    21     1    21
 -5.7945420639565954E+00 a       502     0    21     1    22
  7.1191607795962553E-01 a       503     0    21     1    23
 -1.4979606009582662E+01 a       504     0    21     1    24
 -3.4705814334116103E+00 a       505     0    22     1     1
  3.8755039230540396E+00 a       506     0    22     1     2
 -2.0360790620280543E+01 a       507     0    22     1     3
 -2.8019858590542523E+01 a       508     0    22     1     4
 -1.2021919375028089E+01 a       509     0    22     1     5
  1.8645596265104569E+01 a       510     0    22     1     6
 -1.7627417356697819E+01 a       511     0    22     1     7
 -1.9555882155129385E+01 a       512     0    22     1     8
  4.7731985608474004E+00 a       513     0    22     1     9
  5.9936750225268769E+00 a       514     0    22     1    10
  2.4603436209814927E+01 a       515     0    22     1    11
  2.2966395580862386E+01 a       516     0    22     1    12
 -2.4229103531414744E+01 a       517     0    22     1    13
  7.1937364226963805E+00 a       518     0    22     1    14
 -1.2655180214498364E+01 a       519     0    22     1    15
 -1.4418378087549004E+00 a       520     0    22     1    16
 -6.3821553044865253E-01 a       521     0    22     1    17
  5.4956131808386948E+00 a       522     0    22     1    18
  3.9818488180608036E+01 a       523     0    22     1    19
 -1.2776358106264258E+01 a       524     0    22     1    20
 -3.0101113688133832E+01 a       525     0    22     1    21
  5.1165887900379428E+00 a       526     0    22     1    22
  1.8578736280319415E+01 a       527     0    22     1    23
  5.0424484953865747E+00 a       528     0    22     1    24
  6.6004676636980362E+00 a       529     0    23     1     1
  1.5756677346247043E+01 a       530     0    23     1     2
 -5.8355529208214234E+00 a       531     0    23     1     3
  1.6376833758083871E+00 a       532     0    23     1     4
 -1.1057833873422299E+01 a       533     0    23     1     5
  1.6874582970882559E+00 a       534     0    23     1     6
 -2.7154512157201157E+01 a       535     0    23     1     7
  1.0219856224666502E+01 a       536     0    23     1     8
  3.1453226430858670E+00 a       537     0    23     1     9
  1.7616686776517687E+00 a       538     0    23     1    10
 -3.0222856096427048E+01 a       539     0    23     1    11
  1.2542360681508373E+00 a       540     0    23     1    12
  9.1745170010215027E+00 a       541     0    23     1    13
 -2.0861524708601245E+01 a       542     0    23     1    14
  3.2345345417746589E+00 a       543     0    23     1    15
  1.7438648491472158E+01 a       544     0    23     1    16
  2.8467840304300605E+01 a       545     0    23     1    17
 -5.8905514579292264E+00 a       546     0    23     1    18
 -1.1789451789484152E+01 a       547     0    23     1    19
 -3.9791295686935939E+00 a       548     0    23     1    20
 -1.5108546852846427E+01 a       549     0    23     1    21
  1.5095056782587850E+01 a       550     0    23     1    22
  1.7670703783786383E+01 a       551     0    23     1    23
 -1.0771810835877359E+01 a       552     0    23     1    24
 -5.4958047095888638E+00 a       553     0    24     1     1
 -2.4297345427913228E+00 a       554     0    24     1     2
  6.7172222247576965E+00 a       555     0    24     1     3
  6.3913785452427847E+00 a       556     0    24     1     4
 -6.2898856035095498E+00 a       557     0    24     1     5
 -5.2407336708193100E+00 a       558     0    24     1     6
 -3.8428548283941089E+00 a       559     0    24     1     7
 -6.7407733719939493E+00 a       560     0    24     1     8
  6.1542904539651744E+00 a       561     0    24     1     9
  1.3567009317830912E+01 a       562     0    24     1    10
  1.1228783126276676E+01 a       563     0    24     1    11
 -3.9759892377374655E+00 a       564     0    24     1    12
  2.7525848468722121E+01 a       565     0    24     1    13
  1.1176608767563273E+01 a       566     0    24     1    14
  8.3791741312611752E+00 a       567     0    24     1    15
 -1.5453071415775593E+01 a       568     0    24     1    16
 -2.3218257844620536E+00 a       569     0    24     1    17
 -3.9337453331355934E+00 a       570     0    24     1    18
  1.7309315929433268E+01 a       571     0    24     1    19
 -2.4931274272138575E-02 a       572     0    24     1    20
 -7.6578558521127178E+00 a       573     0    24     1    21
 -4.5761006237272817E+00 a       574     0    24     1    22
 -4.3756417525450360E+00 a       575     0    24     1    23
 -1.9229505841219382E+01 a       576     0    24     1    24
 -1.7371276944681413E+00 a       577     0    25     1     1
  2.4164325226739303E+00 a       578     0    25     1     2
  5.7800140602932060E-01 a       579     0    25     1     3
 -9.6095582107664370E+00 a       580     0    25     1     4
 -2.4464840751282653E+00 a       581     0    25     1     5
  5.4634359635011676E-01 a       582     0    25     1     6
  9.9679779452284372E+00 a       583     0    25     1     7
 -2.8667580044342005E+00 a       584     0    25     1     8
 -1.5625020612812421E+00 a       585     0    25     1     9
 -2.0308963300454268E+00 a       586     0    25     1    10
  3.6884567702847919E+00 a       587     0    25     1    11
  6.7944195923823925E+00 a       588     0    25     1    12
 -1.0774842266464477E+01 a       589     0    25     1    13
  3.9646591754240657E+00 a       590     0    25     1    14
 -9.2543103130567239E-01 a       591     0    25     1    15
 -1.0860135212794655E+00 a       592     0    25     1    16
  1.8220351712642584E+00 a       593     0    25     1    17
 -8.2177373346010434E+00 a       594     0    25     1    18
 -3.3937583298373947E-01 a       595     0    25     1    19
 -2.2561504135690149E+00 a       596     0    25     1    20
 -3.0804566544591339E+00 a       597     0    25     1    21
  7.1627165561740125E-01 a       598     0    25     1    22
  5.1025838425102454E-01 a       599     0    25     1    23
  5.8250737448423724E+00 a       600     0    25     1    24
 -1.7278226161192551E+00 a       601     0    26     1     1
 -7.0565045311763352E-01 a       602     0    26     1     2
 -1.8495856046498382E+00 a       603     0    26     1     3
  3.6159224965848634E-02 a       604     0    26     1     4
 -5.7799580793293437E-01 a       605     0    26     1     5
  3.0901837527887865E+00 a       606     0    26     1     6
  2.6906665111838013E-01 a       607     0    26     1     7
 -6.0230718173053799E-01 a       608     0    26     1     8
 -1.1638624359379153E+00 a       609     0    26     1     9
 -6.8112709985150954E-01 a       610     0    26     1    10
 -5.7795415554496264E-03 a       611     0    26     1    11
  3.6965864863024160E+00 a       612     0    26     1    12
  3.0129167321835353E+00 a       613     0    26     1    13
 -1.8799978842362111E+00 a       614     0    26     1    14
  5.4479590528134303E-01 a       615     0    26     1    15
 -1.9914722822980315E+00 a       616     0    26     1    16
  3.2309869390304641E-01 a       617     0    26     1    17
  9.7382344146924298E-03 a       618     0    26     1    18
  7.9430007144591541E-01 a       619     0    26     1    19
  5.8963073411395217E-01 a       620     0    26     1    20
 -2.0231243145441660E+00 a       621     0    26     1    21
  1.0743525095659787E+00 a       622     0    26     1    22
 -1.1188745943107090E+00 a       623     0    26     1    23
 -1.4764826814686585E+00 a       624     0    26     1    24
 -8.9113523579901555E-01 a       625     0    27     1     1
  8.4276281437848211E-01 a       626     0    27     1     2
 -3.6063553463449209E+00 a       627     0    27     1     3
 -2.3185832748431077E+00 a       628     0    27     1     4
  2.5141325774770857E+00 a       629     0    27     1     5
  1.1066567585333119E-01 a       630     0    27     1     6
  2.8941811261731503E+00 a       631     0    27     1     7
 -3.1830038588275428E-01 a       632     0    27     1     8
 -2.3644794671003155E+00 a       633     0    27     1     9
 -9.2166884032066332E-01 a       634     0    27     1    10
 -2.1317793197596098E+00 a       635     0    27     1    11
  3.9433086314829295E+00 a       636     0    27     1    12
 -1.1912418943757472E+00 a       637     0    27     1    13
 -1.4980494418231836E+00 a       638     0    27     1    14
 -1.0028473024560935E+00 a       639     0    27     1    15
 -5.2145261585359981E-01 a       640     0    27     1    16
 -9.7332043631094078E-01 a       641     0    27     1    17
  1.7760411428606491E+00 a       642     0    27     1    18
  3.5516041308153135E-01 a       643     0    27     1    19
  8.4772476096580818E-01 a       644     0    27     1    20
 -1.5020240773234339E-01 a       645     0    27     1    21
  1.5746731501422657E+00 a       646     0    27     1    22
 -9.8844640036663586E-02 a       647     0    27     1    23
 -4.0239954824242569E-01 a       648     0    27     1    24
 -1.7952436316654297E+00 a       649     0    28     1     1
 -6.9528146885575559E+00 a       650     0    28     1     2
  1.4900788408890764E+00 a       651     0    28     1     3
  1.5517505082992913E-01 a       652     0    28     1     4
  5.9020186161396095E+00 a       653     0    28     1     5
 -3.4804898729617912E+00 a       654     0    28     1     6
  1.1535892625268039E+01 a       655     0    28     1     7
 -3.4502178562398123E-01 a       656     0    28     1     8
 -1.2144505891889044E+00 a       657     0    28     1     9
 -1.2060186073253309E+00 a       658     0    28     1    10
  2.9566523841635592E+00 a       659     0    28     1    11
 -6.3942662734189293E-01 a       660     0    28     1    12
 -4.5509797518398676E-01 a       661     0    28     1    13
  1.9623578403985453E+00 a       662     0    28     1    14
 -1.8809914214210983E+00 a       663     0    28     1    15
 -5.3429360599545985E+00 a       664     0    28     1    16
 -1.0389287015912124E+01 a       665     0    28     1    17
  4.2645089204546034E+00 a       666     0    28     1    18
  4.2070256484579843E-01 a       667     0    28     1    19
  5.6995117975651546E+00 a       668     0    28     1    20
  6.5809514275356849E+00 a       669     0    28     1    21
 -3.3955890112362326E+00 a       670     0    28     1    22
 -4.8170284930701985E+00 a       671     0    28     1    23
  1.0386829439228058E+00 a       672     0    28     1    24
 -2.7582004162566875E-01 a       673     0    29     1     1
 -6.2613773767327530E-01 a       674     0    29     1     2
  3.6936190392633925E+00 a       675     0    29     1     3
  8.6222510540515729E-01 a       676     0    29     1     4
 -3.9199457130715913E+00 a       677     0    29     1     5
  4.2372231553881763E+00 a       678     0    29     1     6
 -9.7256840191161009E-01 a       679     0    29     1     7
  5.8309224613750854E-01 a       680     0    29     1     8
 -4.1391255903951962E-01 a       681     0    29     1     9
  1.6828779119869131E+00 a       682     0    29     1    10
  1.1428795716524196E+00 a       683     0    29     1    11
 -2.4352217018139437E+00 a       684     0    29     1    12
 -2.0884054293040051E+00 a       685     0    29     1    13
  1.1490762299400752E+00 a       686     0    29     1    14
 -2.4146043958277068E+00 a       687     0    29     1    15
 -2.1550460323094054E+00 a       688     0    29     1    16
 -2.7571179956900027E-01 a       689     0    29     1    17
 -8.5744858831057047E-01 a       690     0    29     1    18
 -3.5360321759266937E+00 a       691     0    29     1    19
 -2.8393083118830003E+00 a       692     0    29     1    20
  4.2253278579406806E-01 a       693     0    29     1    21
 -1.3386400476147642E-01 a       694     0    29     1    22
 -7.8665796840134405E-01 a       695     0    29     1    23
  4.9768275853627530E+00 a       696     0    29     1    24
 -4.5515281524449047E-01 a       697     0    30     1     1
  4.4407161070930512E-01 a       698     0    30     1     2
  3.3646370199917639E+00 a       699     0    30     1     3
 -1.6968568071082815E+00 a       700     0    30     1     4
 -2.6456926601447517E+00 a       701     0    30     1     5
 -9.7527551279168434E-01 a       702     0    30     1     6
 -2.5901252328529012E-01 a       703     0    30     1     7
 -9.4690233960179993E-01 a       704     0    30     1     8
  1.7386164092850274E+00 a       705     0    30     1     9
  5.2883213739232926E-01 a       706     0    30     1    10
  1.1247610798929890E+00 a       707     0    30     1    11
 -1.8645207596492250E+00 a       708     0    30     1    12
 -1.9341692728414601E+00 a       709     0    30     1    13
  5.9231010280830865E-01 a       710     0    30     1    14
 -4.6438690449184261E-01 a       711     0    30     1    15
  4.6421359772665871E-01 a       712     0    30     1    16
  4.9583278853942848E-02 a       713     0    30     1    17
 -8.9960030373608602E-01 a       714     0    30     1    18
 -3.1231589427745260E-01 a       715     0    30     1    19
 -3.3914881675231077E+00 a       716     0    30     1    20
 -9.0352352117956480E-01 a       717     0    30     1    21
 -1.5371673446843584E-01 a       718     0    30     1    22
  3.3715776172893751E-02 a       719     0    30     1    23
  2.6044511718125554E+00 a       720     0    30     1    24
 -1.5776828473620030E+00 a       721     0    31     1     1
  1.0955228826308654E-02 a       722     0    31     1     2
  5.0539571639665892E+00 a       723     0    31     1     3
  4.4298054710196793E+00 a       724     0    31     1     4
  1.9651266867112229E+00 a       725     0    31     1     5
  2.1536415069587186E-02 a       726     0    31     1     6
  4.3860121041029956E+00 a       727     0    31     1     7
 -2.0629244044884958E+00 a       728     0    31     1     8
 -2.3002096788359450E+00 a       729     0    31     1     9
 -1.3587978144166073E+00 a       730     0    31     1    10
  8.9726571964224462E+00 a       731     0    31     1    11
 -4.3528548236384790E+00 a       732     0    31     1    12
  3.8843509992405745E-01 a       733     0    31     1    13
  7.7230330804874487E+00 a       734     0    31     1    14
  3.5206790758492406E+00 a       735     0    31     1    15
 -3.8721842666130133E+00 a       736     0    31     1    16
 -5.2918473709047840E+00 a       737     0    31     1    17
 -2.5158725113587024E+00 a       738     0    31     1    18
 -8.9719879392323898E-01 a       739     0    31     1    19
 -2.1875642469780785E+00 a       740     0    31     1    20
  6.8342922491445162E+00 a       741     0    31     1    21
 -5.4413265405223408E+00 a       742     0    31     1    22
 -8.6346041273426781E+00 a       743     0    31     1    23
  4.5230367826312463E+00 a       744     0    31     1    24
  7.2546579325495564E-01 a       745     0    32     1     1
 -9.5709916905843417E-01 a       746     0    32     1     2
  1.0763023435932455E+01 a       747     0    32     1     3
  1.0518901371222011E+00 a       748     0    32     1     4
 -2.4697866436881646E-01 a       749     0    32     1     5
 -3.2066682319453808E+00 a       750     0    32     1     6
  3.3927039153492116E+00 a       751     0    32     1     7
 -1.8755552382895249E+00 a       752     0    32     1     8
  3.7448863938145940E+00 a       753     0    32     1     9
  4.5510139772930582E+00 a       754     0    32     1    10
  8.2897903690629668E+00 a       755     0    32     1    11
  5.2351700123478011E+00 a       756     0    32     1    12
 -1.4880691355538171E+00 a       757     0    32     1    13
  9.4942633943436654E+00 a       758     0    32     1    14
  1.8336895158032789E+00 a       759     0    32     1    15
 -1.8226007331338394E+00 a       760     0    32     1    16
 -7.8309592133137933E+00 a       761     0    32     1    17
  2.3171219053641576E+00 a       762     0    32     1    18
  3.0417158106554121E+00 a       763     0    32     1    19
 -4.1262085907456636E-01 a       764     0    32     1    20
 -1.7096908186276722E+00 a       765     0    32     1    21
 -4.1619102753751660E+00 a       766     0    32     1    22
  8.8072848247418669E+00 a       767     0    32     1    23
  6.0071710768929520E+00 a       768     0    32     1    24
  3.8720459113916933E-01 a       769     0    33     1     1
 -2.8447269255924037E+00 a       770     0    33     1     2
  2.9647880969712177E+00 a       771     0    33     1     3
 -2.4676161197414821E+00 a       772     0    33     1     4
  1.4106808544900923E-01 a       773     0    33     1     5
 -1.8217790256565200E-01 a       774     0    33     1     6
 -3.3849667120786435E+00 a       775     0    33     1     7
  3.6382764632906350E+00 a       776     0    33     1     8
 -4.6943780877313124E+00 a       777     0    33     1     9
 -1.1581853663958106E+00 a       778     0    33     1    10
 -5.5005525679065927E+00 a       779     0    33     1    11
 -1.2024693272399263E-01 a       780     0    33     1    12
 -1.3578047420811754E+00 a       781     0    33     1    13
 -4.7507117403691508E+00 a       782     0    33     1    14
 -1.7807300044051300E+00 a       783     0    33     1    15
 -1.1164352686239598E+00 a       784     0    33     1    16
  2.2335126269379182E+00 a       785     0    33     1    17
  3.4533758385988944E-01 a       786     0    33     1    18
 -6.4656137033419041E+00 a       787     0    33     1    19
  4.2406813048551797E+00 a       788     0    33     1    20
  1.7371779797445785E+00 a       789     0    33     1    21
  1.5652137711876064E+00 a       790     0    33     1    22
  3.0420854338203616E+00 a       791     0    33     1    23
 -5.5463682710073270E-01 a       792     0    33     1    24
 -8.6051867619478584E-01 a       793     0    34     1     1
  5.7747436187502998E-01 a       794     0    34     1     2
 -3.7276602960679228E-01 a       795     0    34     1     3
 -6.9917879718835851E-01 a       796     0    34     1     4
  4.7432257850345871E-01 a       797     0    34     1     5
 -6.0241524985256611E-01 a       798     0    34     1     6
 -7.9440905373805160E-02 a       799     0    34     1     7
  7.4893698254272265E-02 a       800     0    34     1     8
 -5.9083875482637160E-01 a       801     0    34     1     9
  8.1841931002904666E-01 a       802     0    34     1    10
  4.3053258188682841E-01 a       803     0    34     1    11
  2.5551444335995893E-01 a       804     0    34     1    12
 -3.0993948686353082E-02 a       805     0    34     1    13
 -9.0823398159635282E-01 a       806     0    34     1    14
 -6.3562573075093087E-01 a       807     0    34     1    15
  2.9066536021046896E-01 a       808     0    34     1    16
 -1.6381752084283456E+00 a       809     0    34     1    17
  2.4353074941706679E-01 a       810     0    34     1    18
  1.9554868243618836E-01 a       811     0    34     1    19
  1.1772792208286200E+00 a       812     0    34     1    20
  1.7345167792795929E-01 a       813     0    34     1    21
 -1.6192771212687843E-01 a       814     0    34     1    22
  6.8742923746484524E-02 a       815     0    34     1    23
 -5.5061972788656222E-01 a       816     0    34     1    24
 -6.9705455667861849E-01 a       817     0    35     1     1
 -2.1736921918056240E-01 a       818     0    35     1     2
  9.6854414362529184E-01 a       819     0    35     1     3
 -4.2705128739548220E-01 a       820     0    35     1     4
 -2.5669770101195483E-01 a       821     0    35     1     5
  2.9826028394542396E-02 a       822     0    35     1     6
  2.8568968915067442E-02 a       823     0    35     1     7
 -2.9424248128735625E-01 a       824     0    35     1     8
  4.0768309002399000E-01 a       825     0    35     1     9
  3.1863185303225677E-01 a       826     0    35     1    10
 -1.3204700709699999E-01 a       827     0    35     1    11
 -4.8228470508880089E-01 a       828     0    35     1    12
  2.4314680925427202E-02 a       829     0    35     1    13
  4.1098631196005786E-01 a       830     0    35     1    14
  1.8298794799185636E-01 a       831     0    35     1    15
 -6.4296807118878363E-01 a       832     0    35     1    16
  3.3782057898027906E-02 a       833     0    35     1    17
  2.8146262032240021E-01 a       834     0    35     1    18
  6.0473974253400620E-01 a       835     0    35     1    19
  5.2830984897249500E-01 a       836     0    35     1    20
 -1.4509279872135705E-01 a       837     0    35     1    21
 -1.9437404393271274E-01 a       838     0    35     1    22
  1.2775998641081749E-02 a       839     0    35     1    23
 -5.7608922812366392E-01 a       840     0    35     1    24
 -8.4541782072802030E-01 a       841     0    36     1     1
  5.4940923313695356E-01 a       842     0    36     1     2
 -1.4234189974181966E+00 a       843     0    36     1     3
  1.5072680409213843E-01 a       844     0    36     1     4
  1.6114289998712766E-01 a       845     0    36     1     5
 -1.4553275634641523E+00 a       846     0    36     1     6
  3.0017922124757064E-03 a       847     0    36     1     7
  1.2402849108416407E-01 a       848     0    36     1     8
  5.1196052074440901E-01 a       849     0    36     1     9
  7.4214883758458239E-01 a       850     0    36     1    10
 -6.9153368789536962E-01 a       851     0    36     1    11
 -1.3103671194398108E+00 a       852     0    36     1    12
 -3.5703234532230808E-02 a       853     0    36     1    13
  3.9205304799884799E-01 a       854     0    36     1    14
  2.0889494603369636E+00 a       855     0    36     1    15
  5.4193499668341005E-01 a       856     0    36     1    16
 -2.9086473390475642E-01 a       857     0    36     1    17
  7.3748323848898234E-01 a       858     0    36     1    18
  2.7297197852994703E-01 a       859     0    36     1    19
 -1.3226810485845413E+00 a       860     0    36     1    20
  4.8935592978775692E-02 a       861     0    36     1    21
  7.6226343885881698E-01 a       862     0    36     1    22
 -9.1570509301682868E-01 a       863     0    36     1    23
  4.4759180354709954E-01 a       864     0    36     1    24
 -1.8940444364934368E+00 a       865     0    37     1     1
  2.7767589362233198E+00 a       866     0    37     1     2
 -7.9101853796782455E+00 a       867     0    37     1     3
  1.0795765291251385E+00 a       868     0    37     1     4
  3.0358848894721158E+00 a       869     0    37     1     5
  2.1391280782093403E+00 a       870     0    37     1     6
 -4.2833972793370850E-01 a       871     0    37     1     7
  1.0710832099014584E+00 a       872     0    37     1     8
 -5.4293971649934525E-01 a       873     0    37     1     9
  3.0894876859540843E+00 a       874     0    37     1    10
  5.8767822081251815E+00 a       875     0    37     1    11
  3.3179539756076490E+00 a       876     0    37     1    12
 -2.1031213593957863E+00 a       877     0    37     1    13
 -2.4108363895032889E+00 a       878     0    37     1    14
  1.4926458595308956E+00 a       879     0    37     1    15
  2.2348878927024822E+00 a       880     0    37     1    16
  4.0520624484871237E-01 a       881     0    37     1    17
 -4.5140900049114947E+00 a       882     0    37     1    18
 -1.8182195064251012E+00 a       883     0    37     1    19
  5.0832679141734687E+00 a       884     0    37     1    20
  1.3526950366430694E+00 a       885     0    37     1    21
 -2.7910076643535984E+00 a       886     0    37     1    22
 -5.8068202859176452E+00 a       887     0    37     1    23
  3.7759762168919020E-01 a       888     0    37     1    24
  3.7541488411275192E-01 a       889     0    38     1     1
  1.6248530869606079E+00 a       890     0    38     1     2
 -1.0417792692851349E+00 a       891     0    38     1     3
 -7.5796751856415667E-01 a       892     0    38     1     4
 -7.9177225268219698E-01 a       893     0    38     1     5
 -1.1786402378851788E+00 a       894     0    38     1     6
 -2.4681769078669061E-01 a       895     0    38     1     7
  4.0197147718274645E-01 a       896     0    38     1     8
 -7.8860507139174640E-01 a       897     0    38     1     9
  1.2728072264146706E-01 a       898     0    38     1    10
 -1.4222952992617267E-02 a       899     0    38     1    11
 -6.5566137352462972E-01 a       900     0    38     1    12
 -9.4222391339413680E-02 a       901     0    38     1    13
  6.1947056148859081E-01 a       902     0    38     1    14
  4.7158578117478123E-01 a       903     0    38     1    15
  1.2823894865879343E-01 a       904     0    38     1    16
  6.3136132166889336E-01 a       905     0    38     1    17
 -2.9420603757194869E-02 a       906     0    38     1    18
  1.6160517050831222E-01 a       907     0    38     1    19
 -5.0167875300804421E-01 a       908     0    38     1    20
 -2.3464498922209509E-01 a       909     0    38     1    21
 -8.2634244696660822E-02 a       910     0    38     1    22
 -5.1546800249930491E-01 a       911     0    38     1    23
  4.9903302275866357E-01 a       912     0    38     1    24
 -1.0323133244011489E+00 a       913     0    39     1     1
  1.3268509404585502E+00 a       914     0    39     1     2
 -2.8704401135138133E+00 a       915     0    39     1     3
 -4.2252090433713034E+00 a       916     0    39     1     4
  1.2024180990727476E-01 a       917     0    39     1     5
 -2.1313108807377135E+00 a       918     0    39     1     6
 -2.3582830685441434E+00 a       919     0    39     1     7
 -1.0386490422001724E+00 a       920     0    39     1     8
 -1.6648287067213532E+00 a       921     0    39     1     9
  1.8997083536630561E+00 a       922     0    39     1    10
  6.7280164482071780E-01 a       923     0    39     1    11
  1.2505967103928455E+00 a       924     0    39     1    12
 -5.3386696357761732E-01 a       925     0    39     1    13
 -3.7822301973645835E+00 a       926     0    39     1    14
 -3.8980517532627474E+00 a       927     0    39     1    15
  5.7766015386940917E-01 a       928     0    39     1    16
 -1.9229269992269844E+00 a       929     0    39     1    17
 -2.4985520880785159E-01 a       930     0    39     1    18
 -3.3196422250381891E-01 a       931     0    39     1    19
  4.9977046632723965E-01 a       932     0    39     1    20
  2.0645445011793488E+00 a       933     0    39     1    21
 -1.0285400664093649E+00 a       934     0    39     1    22
  3.4618940597135456E-01 a       935     0    39     1    23
 -3.3095483065731570E+00 a       936     0    39     1    24
  4.2255106896924709E-02 a       937     0    40     1     1
  2.6519962900385448E+00 a       938     0    40     1     2
 -2.0162964494418385E+00 a       939     0    40     1     3
 -2.4229631130762570E+00 a       940     0    40     1     4
 -1.1914011104644935E+00 a       941     0    40     1     5
 -2.3748169352434041E+00 a       942     0    40     1     6
 -6.1346993953494564E-02 a       943     0    40     1     7
 -4.2723335464692043E-02 a       944     0    40     1     8
 -2.2564963065583341E-01 a       945     0    40     1     9
  1.8143326027604578E-01 a       946     0    40     1    10
  2.4331620115854715E+00 a       947     0    40     1    11
 -2.9959972666844381E+00 a       948     0    40     1    12
  2.5112463309127999E-02 a       949     0    40     1    13
 -6.4171201641659126E-02 a       950     0    40     1    14
  5.1097432077115734E-01 a       951     0    40     1    15
  4.7883860061099304E-01 a       952     0    40     1    16
  9.3368865062943862E-01 a       953     0    40     1    17
  1.7426659307357066E+00 a       954     0    40     1    18
 -6.3815012535271567E-02 a       955     0    40     1    19
 -2.8613810500182710E+00 a       956     0    40     1    20
 -9.8459535398496112E-01 a       957     0    40     1    21
 -2.2459361852373130E-01 a       958     0    40     1    22
 -1.1883192437312781E-01 a       959     0    40     1    23
 -3.4581173820486054E-02 a       960     0    40     1    24
  3.6013974130993559E-01 a       961     0    41     1     1
 -7.0079835626414477E-01 a       962     0    41     1     2
 -6.8908213783617478E-01 a       963     0    41     1     3
  1.0991645277322280E-01 a       964     0    41     1     4
 -9.0351138219485916E-01 a       965     0    41     1     5
  4.1918858587059626E-02 a       966     0    41     1     6
 -8.6913867113870757E-01 a       967     0    41     1     7
  1.7037849382157383E-01 a       968     0    41     1     8
 -3.6361133901726378E-01 a       969     0    41     1     9
 -4.3346298736975153E-01 a       970     0    41     1    10
  6.0140372507636930E-02 a       971     0    41     1    11
 -1.1031865151768334E-01 a       972     0    41     1    12
  7.8864173283451722E-01 a       973     0    41     1    13
  9.2601668432318929E-01 a       974     0    41     1    14
 -4.2490052826312313E-01 a       975     0    41     1    15
 -7.3947201378251470E-01 a       976     0    41     1    16
  1.5544426715357354E-01 a       977     0    41     1    17
  8.3573682826046947E-01 a       978     0    41     1    18
  1.5247572611525659E-01 a       979     0    41     1    19
 -2.4733404451458303E+00 a       980     0    41     1    20
 -7.6963116396159326E-01 a       981     0    41     1    21
 -1.4452717923521124E-01 a       982     0    41     1    22
  6.7310399601844095E-01 a       983     0    41     1    23
  6.2854156917687698E-01 a       984     0    41     1    24
 -6.1195730113486024E-01 a       985     0    42     1     1
  7.9112315380154214E+00 a       986     0    42     1     2
 -3.5896663435552036E+00 a       987     0    42     1     3
 -1.8803316093952063E+00 a       988     0    42     1     4
 -2.9784351631106407E+00 a       989     0    42     1     5
  1.0255340065365457E+00 a       990     0    42     1     6
 -1.0519936580544735E+01 a       991     0    42     1     7
  3.8237393293698485E+00 a       992     0    42     1     8
 -7.1897074967592189E+00 a       993     0    42     1     9
  4.2213611770318360E-01 a       994     0    42     1    10
 -4.7088816466498373E-01 a       995     0    42     1    11
  1.0744075615725057E+00 a       996     0    42     1    12
 -1.7210912873372692E+00 a       997     0    42     1    13
 -1.0200849794860454E+00 a       998     0    42     1    14
  4.1029257204406635E+00 a       999     0    42     1    15
 -6.5454013730297627E+00 a      1000     0    42     1    16
  4.3836434130120621E+00 a      1001     0    42     1    17
 -2.4017205075377541E+00 a      1002     0    42     1    18
 -1.8937451961433718E+00 a      1003     0    42     1    19
 -9.2257378986743355E+00 a      1004     0    42     1    20
 -4.6878958041121672E+00 a      1005     0    42     1    21
 -8.8283674671184553E-01 a      1006     0    42     1    22
 -6.8073581836096340E+00 a      1007     0    42     1    23
 -3.0322321688090574E+00 a      1008     0    42     1    24
  2.2596790607765023E+00 a      1009     0    43     1     1
 -7.3112261372995748E+00 a      1010     0    43     1     2
  1.4870193403347063E+01 a      1011     0    43     1     3
 -2.8119043829564632E+00 a      1012     0    43     1     4
 -5.7033362084892278E+00 a      1013     0    43     1     5
 -4.2407395957720615E+00 a      1014     0    43     1     6
  3.3115088687964183E+00 a      1015     0    43     1     7
 -4.3088164825661108E+00 a      1016     0    43     1     8
  3.5131460679667312E+00 a      1017     0    43     1     9
 -9.0905371605436203E-01 a      1018     0    43     1    10
 -9.5282492457281958E+00 a      1019     0    43     1    11
 -8.7429131220093694E+00 a      1020     0    43     1    12
  3.7850183799060146E+00 a      1021     0    43     1    13
  3.0479017933365218E+00 a      1022     0    43     1    14
 -4.7304703792384011E+00 a      1023     0    43     1    15
 -6.3967433405718186E+00 a      1024     0    43     1    16
 -6.1749940233392593E+00 a      1025     0    43     1    17
  1.1670681993826133E+01 a      1026     0    43     1    18
  5.6574256244134205E+00 a      1027     0    43     1    19
 -6.9618896426420278E+00 a      1028     0    43     1    20
 -2.3482719923833502E+00 a      1029     0    43     1    21
  5.1026076569986003E+00 a      1030     0    43     1    22
  9.8251237318313933E+00 a      1031     0    43     1    23
 -1.2868510736892629E+00 a      1032     0    43     1    24
 -8.7502488124355893E-01 a      1033     0    44     1     1
 -2.7048894621773503E+00 a      1034     0    44     1     2
  2.4693432102468909E+00 a      1035     0    44     1     3
  2.4978986421795439E+00 a      1036     0    44     1     4
  2.3395697302062946E+00 a      1037     0    44     1     5
  4.4004133039113533E+00 a      1038     0    44     1     6
  1.6408309810323631E+00 a      1039     0    44     1     7
 -1.3804579498537708E+00 a      1040     0    44     1     8
  6.1706652177060495E-01 a      1041     0    44     1     9
  2.4765956939335094E+00 a      1042     0    44     1    10
  1.8490858839828004E+00 a      1043     0    44     1    11
  4.5116706974449694E-01 a      1044     0    44     1    12
 -2.1290929638554992E-01 a      1045     0    44     1    13
 -8.1641849198337069E-01 a      1046     0    44     1    14
 -2.9372023947428212E+00 a      1047     0    44     1    15
  2.2662617382398631E-01 a      1048     0    44     1    16
 -2.7012443546050138E+00 a      1049     0    44     1    17
  7.1561102914322783E-01 a      1050     0    44     1    18
  4.1200077496954324E-01 a      1051     0    44     1    19
  3.6992150076735584E+00 a      1052     0    44     1    20
  4.7466235184830957E-01 a      1053     0    44     1    21
  8.6188074063643116E-01 a      1054     0    44     1    22
  1.0164236705640899E+00 a      1055     0    44     1    23
 -1.0399404355171453E+00 a      1056     0    44     1    24
 -1.2078491633293884E+00 a      1057     0    45     1     1
 -4.5785180540516253E+00 a      1058     0    45     1     2
  4.4875162666145805E+00 a      1059     0    45     1     3
  2.0231611399498202E+00 a      1060     0    45     1     4
 -3.1922674361064880E+00 a      1061     0    45     1     5
  1.7186741809501709E+00 a      1062     0    45     1     6
  7.4177600849786596E-01 a      1063     0    45     1     7
  2.9106703346893057E+00 a      1064     0    45     1     8
 -3.0276093524115408E+00 a      1065     0    45     1     9
 -1.7146533821768952E+00 a      1066     0    45     1    10
 -4.6481769534205322E+00 a      1067     0    45     1    11
 -6.2454017444556098E-01 a      1068     0    45     1    12
 -7.6700864980058614E-01 a      1069     0    45     1    13
  9.1500342012476032E+00 a      1070     0    45     1    14
  3.3196853941774558E+00 a      1071     0    45     1    15
 -4.2051726710800414E+00 a      1072     0    45     1    16
 -4.6525788141309015E+00 a      1073     0    45     1    17
  6.6474099293967637E+00 a      1074     0    45     1    18
 -9.4795412592347295E-01 a      1075     0    45     1    19
  2.8092399388702249E+00 a      1076     0    45     1    20
 -4.4980797159315129E+00 a      1077     0    45     1    21
  6.1617437318879649E+00 a      1078     0    45     1    22
  1.6271155995431243E+00 a      1079     0    45     1    23
  2.8513239271104602E+00 a      1080     0    45     1    24
  3.1496158460154815E+00 a      1081     0    46     1     1
 -6.0070374905022375E+00 a      1082     0    46     1     2
  5.7141127587759906E+00 a      1083     0    46     1     3
  6.8462373645652050E+00 a      1084     0    46     1     4
  2.5861664722057833E+00 a      1085     0    46     1     5
  7.4857299295045481E+00 a      1086     0    46     1     6
 -5.7693408530852230E-01 a      1087     0    46     1     7
  5.1182947333614648E-01 a      1088     0    46     1     8
 -2.5345891580294668E+00 a      1089     0    46     1     9
  3.1931259595003953E+00 a      1090     0    46     1    10
 -3.0059217375487965E+00 a      1091     0    46     1    11
  4.2667059515615016E+00 a      1092     0    46     1    12
 -2.3462456346712433E+00 a      1093     0    46     1    13
 -1.1683583498522507E+00 a      1094     0    46     1    14
 -3.0625322957023084E+00 a      1095     0    46     1    15
 -3.9541229778587517E-01 a      1096     0    46     1    16
 -2.3875178665536869E+00 a      1097     0    46     1    17
 -4.2878423012378146E+00 a      1098     0    46     1    18
 -7.4255335478371143E-01 a      1099     0    46     1    19
  6.0079921000887335E+00 a      1100     0    46     1    20
  1.3224873976418754E+00 a      1101     0    46     1    21
  3.2264407278342002E+00 a      1102     0    46     1    22
 -2.5489095548629490E+00 a      1103     0    46     1    23
  2.2568202230552350E+00 a      1104     0    46     1    24
 -1.5471448503810281E+00 a      1105     0    47     1     1
  2.8917220472066099E+00 a      1106     0    47     1     2
  1.2378007825507265E+00 a      1107     0    47     1     3
 -7.4778111296779959E-01 a      1108     0    47     1     4
  2.3662841808611237E+00 a      1109     0    47     1     5
  2.8004813778174231E-01 a      1110     0    47     1     6
  1.7626376553625074E+00 a      1111     0    47     1     7
  3.7791168599182379E-01 a      1112     0    47     1     8
 -1.0587931464030695E+00 a      1113     0    47     1     9
  3.0573702555215325E+00 a      1114     0    47     1    10
 -4.9871009288964502E-01 a      1115     0    47     1    11
  1.0741147827140889E+00 a      1116     0    47     1    12
 -2.4962087012160192E+00 a      1117     0    47     1    13
 -2.3998599554590663E+00 a      1118     0    47     1    14
 -1.7567352364054107E+00 a      1119     0    47     1    15
  2.7025589024366079E+00 a      1120     0    47     1    16
 -1.7650597415225373E+00 a      1121     0    47     1    17
 -1.1181784033011855E+00 a      1122     0    47     1    18
 -3.8006853524469558E-01 a      1123     0    47     1    19
  7.8112043339237847E+00 a      1124     0    47     1    20
  9.3693197292434904E-01 a      1125     0    47     1    21
  1.7979635671144727E+00 a      1126     0    47     1    22
 -2.7426929847203740E+00 a      1127     0    47     1    23
 -2.3283440654245684E+00 a      1128     0    47     1    24
 -1.4487758426100972E+00 a      1129     0    48     1     1
  2.0224047371538578E+00 a      1130     0    48     1     2
  7.4477382231977574E+00 a      1131     0    48     1     3
 -2.5992441892288404E-01 a      1132     0    48     1     4
 -1.3054840187147743E-01 a      1133     0    48     1     5
 -5.3003406867916052E+00 a      1134     0    48     1     6
  2.5856838847391295E-01 a      1135     0    48     1     7
 -1.7665246598404867E+00 a      1136     0    48     1     8
  8.3634570749194719E+00 a      1137     0    48     1     9
 -1.0713944727533702E+01 a      1138     0    48     1    10
 -5.7883839153698755E+00 a      1139     0    48     1    11
  2.0685736639620158E+00 a      1140     0    48     1    12
  2.1909557526686423E+00 a      1141     0    48     1    13
  2.4858888428305246E+00 a      1142     0    48     1    14
  5.4038390018394846E+00 a      1143     0    48     1    15
  1.3778972065475470E+01 a      1144     0    48     1    16
 -1.7085885053443359E-01 a      1145     0    48     1    17
  4.1805561100746251E+00 a      1146     0    48     1    18
  5.7177579250402637E+00 a      1147     0    48     1    19
  1.3897802350796311E+00 a      1148     0    48     1    20
  6.6835333013814902E-01 a      1149     0    48     1    21
  1.7356778642901758E+00 a      1150     0    48     1    22
  6.9791476334201112E+00 a      1151     0    48     1    23
 -1.5816142525505725E+00 a      1152     0    48     1    24
  5.0576993331431952E-01 a      1153     0    49     1     1
  1.0397812299347761E-01 a      1154     0    49     1     2
  1.6568021972257367E+00 a      1155     0    49     1     3
 -3.8506679418783951E-01 a      1156     0    49     1     4
 -5.7605719471873196E-01 a      1157     0    49     1     5
 -5.7415898011740485E-01 a      1158     0    49     1     6
  2.4246503222826729E-01 a      1159     0    49     1     7
 -2.1098572439721455E-01 a      1160     0    49     1     8
 -2.0210000763155436E-01 a      1161     0    49     1     9
 -8.6548111094820634E-01 a      1162     0    49     1    10
 -7.9910328959578747E-01 a      1163     0    49     1    11
 -8.5872966414170993E-01 a      1164     0    49     1    12
  1.5138400739955193E-01 a      1165     0    49     1    13
  7.8651519276086046E-01 a      1166     0    49     1    14
 -1.8050350010131941E-01 a      1167     0    49     1    15
 -5.9290475173995871E-01 a      1168     0    49     1    16
 -1.2178529273104235E-01 a      1169     0    49     1    17
  2.4012377777341465E-01 a      1170     0    49     1    18
  5.0182901025103621E-01 a      1171     0    49     1    19
 -5.0091350369105747E-01 a      1172     0    49     1    20
  1.7607850199861616E-01 a      1173     0    49     1    21
 -6.7238053105298318E-02 a      1174     0    49     1    22
  8.8535584062153683E-01 a      1175     0    49     1    23
  4.2166295337207678E-02 a      1176     0    49     1    24
  2.3047567195500512E-01 a      1177     0    50     1     1
 -3.8765042559826474E-01 a      1178     0    50     1     2
  8.6798047202833892E-02 a      1179     0    50     1     3
  5.5665438563133052E-01 a      1180     0    50     1     4
 -3.3388404999940985E-01 a      1181     0    50     1     5
  2.0637747564048525E-01 a      1182     0    50     1     6
  2.9287991395494362E-01 a      1183     0    50     1     7
 -1.8346988359132238E-01 a      1184     0    50     1     8
  2.3859187233419415E-01 a      1185     0    50     1     9
 -3.9993729129598998E-01 a      1186     0    50     1    10
 -5.8029942760429254E-01 a      1187     0    50     1    11
 -3.2495562868150174E-01 a      1188     0    50     1    12
  3.4844949336323072E-01 a      1189     0    50     1    13
  1.0575004814680842E+00 a      1190     0    50     1    14
  3.7993319116139079E-01 a      1191     0    50     1    15
 -6.2097632372983891E-01 a      1192     0    50     1    16
 -1.6038298832556225E-01 a      1193     0    50     1    17
  6.1168351839452317E-01 a      1194     0    50     1    18
  2.1748445634241106E-01 a      1195     0    50     1    19
 -6.0726099216482432E-01 a      1196     0    50     1    20
 -3.3347836595977454E-01 a      1197     0    50     1    21
  1.5753148771506936E-01 a      1198     0    50     1    22
  1.5796645201393314E-01 a      1199     0    50     1    23
 -7.3023607240193550E-02 a      1200     0    50     1    24
  2.2100803344968531E-01 a      1201     0    51     1     1
 -1.2500390563467911E+00 a      1202     0    51     1     2
  8.6272396960358322E-01 a      1203     0    51     1     3
  2.7631231829043756E-01 a      1204     0    51     1     4
 -9.5675586902775356E-01 a      1205     0    51     1     5
 -1.6460319620431147E+00 a      1206     0    51     1     6
  4.6601311485129276E-01 a      1207     0    51     1     7
 -5.3003544916037204E-01 a      1208     0    51     1     8
  1.1625205946064607E-01 a      1209     0    51     1     9
 -1.2605322158294252E+00 a      1210     0    51     1    10
 -5.2058461556244362E-01 a      1211     0    51     1    11
 -7.1953087950862515E-01 a      1212     0    51     1    12
 -1.3974976770179265E-01 a      1213     0    51     1    13
  2.4190537101065894E+00 a      1214     0    51     1    14
  1.2076701781514812E-01 a      1215     0    51     1    15
  7.1024246101565947E-01 a      1216     0    51     1    16
 -5.3158784450424101E-01 a      1217     0    51     1    17
  2.6928300328484001E-01 a      1218     0    51     1    18
 -1.0579481309009943E-01 a      1219     0    51     1    19
 -1.6558072815279243E+00 a      1220     0    51     1    20
  1.0579694908232050E-01 a      1221     0    51     1    21
 -4.9564436187920044E-02 a      1222     0    51     1    22
  1.2304847161094352E+00 a      1223     0    51     1    23
 -7.2868262470305117E-02 a      1224     0    51     1    24
 -2.4631777378264794E+00 a      1225     0    52     1     1
  3.4254916432512306E+00 a      1226     0    52     1     2
 -8.5009105226810551E+00 a      1227     0    52     1     3
  1.9990093459554055E+00 a      1228     0    52     1     4
  3.0261776597845627E+00 a      1229     0    52     1     5
  2.1575290721995568E+00 a      1230     0    52     1     6
 -1.4510629694556247E+00 a      1231     0    52     1     7
  2.5735012176601080E+00 a      1232     0    52     1     8
 -7.9251247731805630E-01 a      1233     0    52     1     9
  1.9744876468504877E+00 a      1234     0    52     1    10
  4.8853649011480709E+00 a      1235     0    52     1    11
  3.0772364062624007E+00 a      1236     0    52     1    12
 -2.9778101439210194E+00 a      1237     0    52     1    13
 -3.4467242068403570E+00 a      1238     0    52     1    14
  1.4329052454409996E+00 a      1239     0    52     1    15
  2.2210755320596456E+00 a      1240     0    52     1    16
  1.8471780815818073E+00 a      1241     0    52     1    17
 -6.5048673210587422E+00 a      1242     0    52     1    18
 -4.1756913268185389E+00 a      1243     0    52     1    19
  4.1172990886764715E+00 a      1244     0    52     1    20
 -2.4985233152323097E-01 a      1245     0    52     1    21
 -2.3526525358301855E+00 a      1246     0    52     1    22
 -5.0956320344628194E+00 a      1247     0    52     1    23
  1.1183992150954376E+00 a      1248     0    52     1    24
  5.4952797324525271E-01 a      1249     0    53     1     1
  1.1930007344872144E+00 a      1250     0    53     1     2
 -2.7310072255281206E+00 a      1251     0    53     1     3
 -4.9765390136730081E-01 a      1252     0    53     1     4
 -9.7783410913916735E-01 a      1253     0    53     1     5
 -2.6744141518167637E+00 a      1254     0    53     1     6
 -2.0886793332507456E-01 a      1255     0    53     1     7
  6.8069170908576371E-01 a      1256     0    53     1     8
 -2.3372061591560292E-01 a      1257     0    53     1     9
 -7.2158254697875612E-01 a      1258     0    53     1    10
 -1.1002579336945812E+00 a      1259     0    53     1    11
 -1.3700080031032185E+00 a      1260     0    53     1    12
 -4.6471835229429487E-01 a      1261     0    53     1    13
 -3.3568809952503181E-01 a      1262     0    53     1    14
  7.4877902581449252E-01 a      1263     0    53     1    15
  6.1034498129737505E-02 a      1264     0    53     1    16
  8.1235799045476442E-01 a      1265     0    53     1    17
 -8.3530271992031124E-01 a      1266     0    53     1    18
 -1.1071228843495475E+00 a      1267     0    53     1    19
 -1.2830999400346388E+00 a      1268     0    53     1    20
 -5.9175251795941453E-01 a      1269     0    53     1    21
 -2.3064902995357994E-01 a      1270     0    53     1    22
 -1.5920090856593161E-01 a      1271     0    53     1    23
  6.9952346627051565E-01 a      1272     0    53     1    24
 -1.5567036779983363E+00 a      1273     0    54     1     1
  3.8747876556526166E+00 a      1274     0    54     1     2
 -4.3809101779006339E+00 a      1275     0    54     1     3
 -2.0449852807292033E-02 a      1276     0    54     1     4
  3.8511005077661178E+00 a      1277     0    54     1     5
 -1.4987332652321761E+00 a      1278     0    54     1     6
  1.8688293791336501E+00 a      1279     0    54     1     7
  1.3546284615588761E-01 a      1280     0    54     1     8
  2.2791497974106862E+00 a      1281     0    54     1     9
  3.5048891106273135E+00 a      1282     0    54     1    10
  5.3472116875539726E+00 a      1283     0    54     1    11
  2.3524079887812435E-01 a      1284     0    54     1    12
  1.5405363587788321E+00 a      1285     0    54     1    13
 -7.7501039617605700E+00 a      1286     0    54     1    14
 -2.3997571972825038E+00 a      1287     0    54     1    15
  4.3192386394434408E+00 a      1288     0    54     1    16
  8.9507405536168294E-01 a      1289     0    54     1    17
 -3.7501230250269550E+00 a      1290     0    54     1    18
  6.8113484169521932E-01 a      1291     0    54     1    19
  1.2299133032406306E-01 a      1292     0    54     1    20
  1.1373820698105874E+00 a      1293     0    54     1    21
 -3.8920463801094667E+00 a      1294     0    54     1    22
 -2.0583889050638469E+00 a      1295     0    54     1    23
  2.2300544606473244E-01 a      1296     0    54     1    24
 -2.0069716829642750E+00 a      1297     0    55     1     1
  3.4276785999937665E+00 a      1298     0    55     1     2
 -5.0354294315741708E+00 a      1299     0    55     1     3
 -2.9918080097889534E+00 a      1300     0    55     1     4
 -8.3798592710565256E-01 a      1301     0    55     1     5
 -4.9708181261863835E+00 a      1302     0    55     1     6
  1.2311086260418691E+00 a      1303     0    55     1     7
 -1.5794420131402451E-01 a      1304     0    55     1     8
  2.1827911113349678E+00 a      1305     0    55     1     9
 -2.2465871486918734E+00 a      1306     0    55     1    10
  1.2785832185777837E+00 a      1307     0    55     1    11
 -1.8420792458618240E+00 a      1308     0    55     1    12
  1.8248926955798661E+00 a      1309     0    55     1    13
  1.1420138796466324E+00 a      1310     0    55     1    14
  1.3639917887055584E+00 a      1311     0    55     1    15
  6.5800618214035933E-02 a      1312     0    55     1    16
  8.3232253921820543E-01 a      1313     0    55     1    17
  2.2352232948157176E+00 a      1314     0    55     1    18
 -1.4605542482085876E-01 a      1315     0    55     1    19
 -3.0239932456650558E+00 a      1316     0    55     1    20
 -6.0444429980762604E-01 a      1317     0    55     1    21
 -2.4996334766570265E+00 a      1318     0    55     1    22
  2.6287997138461541E+00 a      1319     0    55     1    23
 -8.0482407853530358E-01 a      1320     0    55     1    24
  7.4869698452856082E-01 a      1321     0    56     1     1
 -1.3687655135303614E+00 a      1322     0    56     1     2
 -1.6305708504111847E+00 a      1323     0    56     1     3
  5.2942475069639772E-01 a      1324     0    56     1     4
 -1.6358898370469306E+00 a      1325     0    56     1     5
 -7.7834775480888685E-01 a      1326     0    56     1     6
 -2.9894539313721602E-01 a      1327     0    56     1     7
  1.1515009568095903E-01 a      1328     0    56     1     8
  8.1824527655416690E-01 a      1329     0    56     1     9
 -1.4148368370352482E+00 a      1330     0    56     1    10
  3.1793519888633226E-01 a      1331     0    56     1    11
  3.3662529640211736E-01 a      1332     0    56     1    12
  2.1803390631714121E+00 a      1333     0    56     1    13
  2.5787178131170330E+00 a      1334     0    56     1    14
  6.7384767484876251E-01 a      1335     0    56     1    15
 -1.4795887550282023E+00 a      1336     0    56     1    16
  2.4613249686330163E-01 a      1337     0    56     1    17
  1.9135668926907596E+00 a      1338     0    56     1    18
  4.6163182991520491E-01 a      1339     0    56     1    19
 -4.6093495006615681E+00 a      1340     0    56     1    20
 -1.2535266825152009E+00 a      1341     0    56     1    21
 -9.0894353193647093E-01 a      1342     0    56     1    22
  1.8547365578944572E+00 a      1343     0    56     1    23
  1.1182872403212807E+00 a      1344     0    56     1    24
 -2.7922340432080519E+00 a      1345     0    57     1     1
 -3.3836961443438072E+00 a      1346     0    57     1     2
 -7.1012924283055474E+00 a      1347     0    57     1     3
  2.0473919983801445E-01 a      1348     0    57     1     4
 -6.7357749980646675E-01 a      1349     0    57     1     5
  9.2608796876402999E-01 a      1350     0    57     1     6
  2.9709677081673460E+00 a      1351     0    57     1     7
  6.5555624696851134E-01 a      1352     0    57     1     8
 -3.0213706128827984E+00 a      1353     0    57     1     9
  1.1958261853659511E+01 a      1354     0    57     1    10
  1.9924556545694023E+00 a      1355     0    57     1    11
 -3.7035794481024444E+00 a      1356     0    57     1    12
 -2.5072458495192498E+00 a      1357     0    57     1    13
  5.4133313017900377E+00 a      1358     0    57     1    14
 -1.1065115048691596E+00 a      1359     0    57     1    15
 -5.1470126514086996E+00 a      1360     0    57     1    16
 -3.6807794994345139E-02 a      1361     0    57     1    17
  2.8930068567109890E-01 a      1362     0    57     1    18
 -3.4999587509555150E+00 a      1363     0    57     1    19
 -1.5553013048680826E+00 a      1364     0    57     1    20
 -2.7988787478075623E+00 a      1365     0    57     1    21
  2.7964354596409828E+00 a      1366     0    57     1    22
 -3.9807723550572689E+00 a      1367     0    57     1    23
 -1.4419412297544167E+00 a      1368     0    57     1    24
  5.1979024699151755E-01 a      1369     0    58     1     1
  9.5574643401361636E-01 a      1370     0    58     1     2
  1.0209757261794896E+00 a      1371     0    58     1     3
  2.6622074601488714E+00 a      1372     0    58     1     4
  1.3588254122844647E+00 a      1373     0    58     1     5
  1.5892553476894039E-01 a      1374     0    58     1     6
  1.9881605171239320E+00 a      1375     0    58     1     7
  9.7822080985740034E-01 a      1376     0    58     1     8
  1.2528271770603157E+00 a      1377     0    58     1     9
 -3.2353015101205279E-01 a      1378     0    58     1    10
  1.5438431964798160E+00 a      1379     0    58     1    11
 -1.1417433900396721E+00 a      1380     0    58     1    12
  2.2918994249481975E-01 a      1381     0    58     1    13
  1.0501178529935382E+00 a      1382     0    58     1    14
  2.0743797513469153E+00 a      1383     0    58     1    15
  4.6822543843363174E-01 a      1384     0    58     1    16
  2.8230502269583391E+00 a      1385     0    58     1    17
 -5.4047272491057807E-01 a      1386     0    58     1    18
 -2.6499023451228693E-01 a      1387     0    58     1    19
 -1.3312913169847109E+00 a      1388     0    58     1    20
 -1.4115781222902815E+00 a      1389     0    58     1    21
 -4.0842566547677217E-01 a      1390     0    58     1    22
 -8.1411952413969102E-01 a      1391     0    58     1    23
  3.2542741006025966E+00 a      1392     0    58     1    24
  2.1879378847695836E+00 a      1393     0    59     1     1
 -6.3947064650552417E+00 a      1394     0    59     1     2
  5.6947350813810738E-01 a      1395     0    59     1     3
  4.7775645539100026E-01 a      1396     0    59     1     4
  3.0348207144939261E+00 a      1397     0    59     1     5
  2.4939607227345668E+00 a      1398     0    59     1     6
  8.5199988471602648E+00 a      1399     0    59     1     7
 -2.6883940122775574E+00 a      1400     0    59     1     8
  1.4439341096381495E+00 a      1401     0    59     1     9
  4.1671256264705043E+00 a      1402     0    59     1    10
  1.6539908051763317E+00 a      1403     0    59     1    11
 -9.2691248389822123E-01 a      1404     0    59     1    12
  3.2700639819457850E-01 a      1405     0    59     1    13
 -5.4252637345854571E-01 a      1406     0    59     1    14
 -6.8281322903731381E+00 a      1407     0    59     1    15
 -6.0087329142803214E-01 a      1408     0    59     1    16
 -2.5310122012959946E+00 a      1409     0    59     1    17
  1.0464487335573338E+00 a      1410     0    59     1    18
 -7.0958282947491724E-01 a      1411     0    59     1    19
  9.0957230367133803E+00 a      1412     0    59     1    20
  4.6919775821877456E+00 a      1413     0    59     1    21
  9.4918032501821503E-01 a      1414     0    59     1    22
  3.4492031131107295E+00 a      1415     0    59     1    23
  3.0257076912384795E+00 a      1416     0    59     1    24
  1.8451609030301512E+00 a      1417     0    60     1     1
  6.7116088133324414E-01 a      1418     0    60     1     2
  2.0110456504645546E-01 a      1419     0    60     1     3
 -2.7990072962721803E-02 a      1420     0    60     1     4
  3.3292249980992028E-01 a      1421     0    60     1     5
  7.7285279337713364E-01 a      1422     0    60     1     6
 -9.7321432758403259E-01 a      1423     0    60     1     7
  6.9441548785661478E-01 a      1424     0    60     1     8
 -1.4832295545366945E+00 a      1425     0    60     1     9
 -2.7963377942662642E+00 a      1426     0    60     1    10
 -2.8082448982798269E-01 a      1427     0    60     1    11
  2.9290515041126346E+00 a      1428     0    60     1    12
  9.3806138820035312E-01 a      1429     0    60     1    13
  2.0763409417275160E+00 a      1430     0    60     1    14
  1.2610513408397042E+00 a      1431     0    60     1    15
  1.9220084336008743E+00 a      1432     0    60     1    16
  3.2388580453366087E+00 a      1433     0    60     1    17
 -1.0227470764660818E+00 a      1434     0    60     1    18
  3.3664620482972907E-01 a      1435     0    60     1    19
 -7.7763166944714701E-01 a      1436     0    60     1    20
  1.3417875848313969E+00 a      1437     0    60     1    21
 -2.0956354001058314E-01 a      1438     0    60     1    22
  5.8306146158163563E-01 a      1439     0    60     1    23
 -6.0626682858047863E-03 a      1440     0    60     1    24
  2.3740971611734990E-01 a      1441     0    61     1     1
 -2.9587558943312481E-01 a      1442     0    61     1     2
  5.9084879539279278E-01 a      1443     0    61     1     3
 -7.6558924386642968E-01 a      1444     0    61     1     4
 -5.0155176228532372E-01 a      1445     0    61     1     5
 -4.0290916139737826E-01 a      1446     0    61     1     6
 -7.1656017237896030E-01 a      1447     0    61     1     7
  2.0763818939329096E-01 a      1448     0    61     1     8
  4.5496910084634701E-01 a      1449     0    61     1     9
 -1.2965018090715608E+00 a      1450     0    61     1    10
 -8.1126147838870155E-01 a      1451     0    61     1    11
  1.1936281921770502E+00 a      1452     0    61     1    12
  6.1581735440222651E-01 a      1453     0    61     1    13
  5.6564862981153519E-01 a      1454     0    61     1    14
  1.2446712902252770E+00 a      1455     0    61     1    15
 -4.1899292137116145E-01 a      1456     0    61     1    16
  1.2388297416994916E+00 a      1457     0    61     1    17
 -1.6048189191275494E-01 a      1458     0    61     1    18
  5.1565045768916695E-01 a      1459     0    61     1    19
 -1.8027483944934415E+00 a      1460     0    61     1    20
  3.6261850679925683E-02 a      1461     0    61     1    21
 -3.6212194478488074E-01 a      1462     0    61     1    22
  6.7724259310454546E-02 a      1463     0    61     1    23
  1.8164063849589904E-01 a      1464     0    61     1    24
  3.4673778155204285E+00 a      1465     0    62     1     1
 -1.5801434986059051E+00 a      1466     0    62     1     2
  1.9764036357490979E+00 a      1467     0    62     1     3
 -2.8706603005086878E-01 a      1468     0    62     1     4
 -1.6169694622854891E+00 a      1469     0    62     1     5
  2.2591502456638266E+00 a      1470     0    62     1     6
 -2.0878876987612007E+00 a      1471     0    62     1     7
 -2.8176731477265275E+00 a      1472     0    62     1     8
  1.7119214617372138E+00 a      1473     0    62     1     9
 -3.4664491846185492E+00 a      1474     0    62     1    10
 -2.6073377247837013E+00 a      1475     0    62     1    11
  8.3887850332910363E-01 a      1476     0    62     1    12
 -4.3029674764979481E-01 a      1477     0    62     1    13
  5.0807277623426605E-01 a      1478     0    62     1    14
  3.7395107109052111E-01 a      1479     0    62     1    15
 -1.0501941130461641E+00 a      1480     0    62     1    16
  3.5343350199268579E+00 a      1481     0    62     1    17
 -2.9971453015497307E+00 a      1482     0    62     1    18
  8.6126206518526327E-01 a      1483     0    62     1    19
 -1.4091120673467377E+00 a      1484     0    62     1    20
  2.7778223089474396E+00 a      1485     0    62     1    21
 -8.5774469773791095E-01 a      1486     0    62     1    22
  7.1551185896194214E-01 a      1487     0    62     1    23
 -2.5972870592631372E+00 a      1488     0    62     1    24
  6.7307531931482301E-01 a      1489     0    63     1     1
 -1.0231251080852459E+00 a      1490     0    63     1     2
  1.2086295454692695E+00 a      1491     0    63     1     3
  1.3980288183363757E-01 a      1492     0    63     1     4
  2.7260119904741809E-02 a      1493     0    63     1     5
  2.3231386865450918E-01 a      1494     0    63     1     6
 -8.1753294477766603E-01 a      1495     0    63     1     7
 -2.2248389320659157E-01 a      1496     0    63     1     8
  6.1703926273769993E-01 a      1497     0    63     1     9
 -9.4850330269962513E-01 a      1498     0    63     1    10
  1.7337313018935463E-01 a      1499     0    63     1    11
 -1.5645841887546195E+00 a      1500     0    63     1    12
 -9.4209096910779366E-01 a      1501     0    63     1    13
 -6.8196800290932214E-01 a      1502     0    63     1    14
  1.2929359781110354E+00 a      1503     0    63     1    15
 -7.1652121124256740E-01 a      1504     0    63     1    16
  1.6894359906186314E+00 a      1505     0    63     1    17
 -1.9425458836526079E+00 a      1506     0    63     1    18
 -2.8640106917325220E-01 a      1507     0    63     1    19
 -1.3795748241751462E+00 a      1508     0    63     1    20
  7.7225850241863692E-01 a      1509     0    63     1    21
 -6.7585427345998084E-01 a      1510     0    63     1    22
  5.9691057716731910E-01 a      1511     0    63     1    23
  1.1522879021180976E+00 a      1512     0    63     1    24
  3.6120614172792251E+00 a      1513     0    64     1     1
  4.2928854335878797E-01 a      1514     0    64     1     2
  2.9995217339514739E+00 a      1515     0    64     1     3
  5.4705543801828016E-01 a      1516     0    64     1     4
  6.8538791357785933E-01 a      1517     0    64     1     5
  3.3516486111445238E+00 a      1518     0    64     1     6
 -2.4689911387350896E+00 a      1519     0    64     1     7
  5.7633344449815127E-01 a      1520     0    64     1     8
 -9.8756439422035658E-01 a      1521     0    64     1     9
 -4.9422899726763623E+00 a      1522     0    64     1    10
  2.5785781705846285E+00 a      1523     0    64     1    11
  3.5440927347447593E+00 a      1524     0    64     1    12
  8.6309660405819855E-01 a      1525     0    64     1    13
 -6.7427086583045872E+00 a      1526     0    64     1    14
 -3.6563806716362417E+00 a      1527     0    64     1    15
 -2.7322681768453880E+00 a      1528     0    64     1    16
 -3.2848651108155880E-01 a      1529     0    64     1    17
 -4.1727885349107243E+00 a      1530     0    64     1    18
  2.6630163671346585E-01 a      1531     0    64     1    19
  1.5887893839610738E+00 a      1532     0    64     1    20
  1.7160881927656542E+00 a      1533     0    64     1    21
 -4.5400431270584942E+00 a      1534     0    64     1    22
  6.9813459240302178E-01 a      1535     0    64     1    23
  1.8367295764188567E+00 a      1536     0    64     1    24
  3.8072518411380346E-02 b      1537     1     1
 -2.5369508300552533E-02 b      1538     1     2
  1.9038161390003826E-02 b      1539     1     3
  1.8214647926059414E-02 b      1540     1     4
 -7.0159346565727820E-03 b      1541     1     5
 -2.7918214176948675E-02 b      1542     1     6
 -5.5787386310741085E-03 b      1543     1     7
  7.1059170717523060E-02 b      1544     1     8
 -2.4351689241240270E-03 b      1545     1     9
 -3.9089999263583940E-02 b      1546     1    10
  3.6836997830665526E-02 b      1547     1    11
  6.4029676131226204E-02 b      1548     1    12
  4.3406964971374903E-02 b      1549     1    13
  6.2181326846022043E-03 b      1550     1    14
  1.3104534280512933E-01 b      1551     1    15
  4.4671012054038547E-02 b      1552     1    16
 -4.4164023639137656E-02 b      1553     1    17
 -4.2373573355135578E-02 b      1554     1    18
 -6.7283778405860311E-03 b      1555     1    19
 -3.7398919974452320E-02 b      1556     1    20
 -3.0877420221261911E-02 b      1557     1    21
 -2.0472636465498389E-02 b      1558     1    22
 -1.6198849463170559E-02 b      1559     1    23
  4.2989883934339286E-02 b      1560     1    24
 -6.3382266052540359E-01 a      1561     1     1     2     1
 -1.8813406745243491E-01 a      1562     1     1     2     2
  9.8249659334037218E-02 a      1563     1     1     2     3
  1.0078973579423873E+00 a      1564     1     1     2     4
 -3.4675618386889923E-01 a      1565     1     1     2     5
  2.2075791129832954E-02 a      1566     1     1     2     6
  9.0697630728406264E-01 a      1567     1     1     2     7
  4.7777176034624735E-01 a      1568     1     1     2     8
 -2.3146233249881161E+00 a      1569     1     1     2     9
 -8.5337072742297848E-02 a      1570     1     1     2    10
 -4.9034208393751405E-01 a      1571     1     1     2    11
  1.6789611165631807E-01 a      1572     1     1     2    12
  1.6660600322845301E-01 a      1573     1     1     2    13
 -3.4091823414473477E-01 a      1574     1     1     2    14
 -5.5099838039857252E-01 a      1575     1     1     2    15
  7.8326992684199570E-01 a      1576     1     1     2    16
  2.2287435090516758E-01 a      1577     1     1     2    17
  1.1783611342635508E-01 a      1578     1     1     2    18
 -2.3725782227016226E-01 a      1579     1     1     2    19
 -1.5716255137179891E-01 a      1580     1     1     2    20
  4.6137871034122241E-01 a      1581     1     1     2    21
 -2.8907414548121202E-01 a      1582     1     1     2    22
 -5.5329515476525870E-02 a      1583     1     1     2    23
 -2.0099858049493249E-01 a      1584     1     1     2    24
 -3.7297665798804086E-01 a      1585     1     2     2     1
  2.4153012226392703E-01 a      1586     1     2     2     2
 -4.5873425892720993E-03 a      1587     1     2     2     3
 -1.1339090046187568E-01 a      1588     1     2     2     4
 -3.1822438188925112E-01 a      1589     1     2     2     5
  2.7317529560035716E-02 a      1590     1     2     2     6
  5.2873056266834806E-02 a      1591     1     2     2     7
 -1.3634868148980633E-01 a      1592     1     2     2     8
 -1.4563982354886207E-01 a      1593     1     2     2     9
 -1.2678016408633494E-01 a      1594     1     2     2    10
  1.6191067255125055E-01 a      1595     1     2     2    11
  1.4362119023453560E-01 a      1596     1     2     2    12
  5.4498417347610871E-02 a      1597     1     2     2    13
 -1.0020956579776674E+00 a      1598     1     2     2    14
  1.0218878556434445E-01 a      1599     1     2     2    15
 -4.2536194987277620E-01 a      1600     1     2     2    16
 -1.7608862963241467E-01 a      1601     1     2     2    17
  1.1625264552989333E-01 a      1602     1     2     2    18
 -5.3575851308061122E-03 a      1603     1     2     2    19
 -7.9119376130224170E-02 a      1604     1     2     2    20
 -2.7802038412269964E-01 a      1605     1     2     2    21
  2.2761914306705167E-01 a      1606     1     2     2    22
 -4.0893046294407043E-01 a      1607     1     2     2    23
  8.7642852304824159E-02 a      1608     1     2     2    24
  1.6129756309947699E-01 a      1609     1     3     2     1
  3.9869608608255303E-01 a      1610     1     3     2     2
 -1.3721225328848960E-01 a      1611     1     3     2     3
 -1.0816692842089370E+00 a      1612     1     3     2     4
  2.4311127132275914E-01 a      1613     1     3     2     5
  5.5443947911465685E-01 a      1614     1     3     2     6
 -9.3464995164709491E-02 a      1615     1     3     2     7
 -2.5841806139466772E-01 a      1616     1     3     2     8
 -1.9808639169062878E-01 a      1617     1     3     2     9
 -6.1796298274378506E-02 a      1618     1     3     2    10
  5.9770177243279883E-02 a      1619     1     3     2    11
 -3.4360729290289566E-01 a      1620     1     3     2    12
 -2.5857061993741753E-01 a      1621     1     3     2    13
 -6.3666753302416668E-01 a      1622     1     3     2    14
  3.2953414112169666E-01 a      1623     1     3     2    15
  3.5293849663442056E-01 a      1624     1     3     2    16
 -2.6748785181031426E-01 a      1625     1     3     2    17
  9.7153368464604206E-02 a      1626     1     3     2    18
  1.2529750396667816E-01 a      1627     1     3     2    19
