################################################################################
# Neural network connection values (weights and biases).
################################################################################
# Col  Name       Description
################################################################################
# 1    connection Neural network connection value.
# 2    t          Connection type (a = weight, b = bias).
# 3    index      Index enumerating weights.
# 4    l_s        Starting point layer (end point layer for biases).
# 5    n_s        Starting point neuron in starting layer (end point neuron for biases).
# 6    l_e        End point layer.
# 7    n_e        End point neuron in end layer.
################################################################################
#                      1 2         3     4     5     6     7
#             connection t     index   l_s   n_s   l_e   n_e
############################################################
 -2.4070060205811270E+00 a         1     0     1     1     1
  1.7103889924882718E+00 a         2     0     1     1     2
 -3.1460095802712202E+00 a         3     0     1     1     3
  1.1224355813517870E+00 a         4     0     1     1     4
  2.2023511949730383E+00 a         5     0     1     1     5
  3.8777204320473153E+00 a         6     0     1     1     6
 -4.4528813589472027E-01 a         7     0     1     1     7
  3.3176512294106275E+00 a         8     0     1     1     8
 -7.9614431324903923E-01 a         9     0     1     1     9
 -1.0292785968514486E+00 a        10     0     1     1    10
  2.1650840838847785E+00 a        11     0     1     1    11
  1.1712729140500786E+00 a        12     0     1     1    12
  2.8388788256924200E+00 a        13     0     1     1    13
 -1.2468130798670223E+00 a        14     0     1     1    14
  2.4623313629647634E+00 a        15     0     1     1    15
  6.5062727866774939E+00 a        16     0     1     1    16
 -4.5751818281168094E-01 a        17     0     1     1    17
  8.9885597481435264E-01 a        18     0     1     1    18
  3.6216271501177797E+00 a        19     0     1     1    19
  6.2444914303102880E-02 a        20     0     1     1    20
 -9.1726793728632905E-01 a        21     0     1     1    21
 -1.8968110491310970E+00 a        22     0     1     1    22
 -1.4967909427471240E-01 a        23     0     1     1    23
 -1.6126387585974773E+00 a        24     0     1     1    24
  5.9517289436379546E+00 a        25     0     2     1     1
  3.3503916329427968E-01 a        26     0     2     1     2
 -1.5803346523686521E-01 a        27     0     2     1     3
  1.2173869322733639E+00 a        28     0     2     1     4
 -1.4850769919152127E+00 a        29     0     2     1     5
  9.4565671088780601E-01 a        30     0     2     1     6
  4.5897983394030764E+00 a        31     0     2     1     7
  6.7418272411487798E+00 a        32     0     2     1     8
 -1.5823845665770102E+00 a        33     0     2     1     9
 -3.2048448066330191E+00 a        34     0     2     1    10
  1.9356260049063361E+00 a        35     0     2     1    11
 -2.0615538740869619E+00 a        36     0     2     1    12
  1.5430574697733155E+00 a        37     0     2     1    13
  1.2115277560679991E-01 a        38     0     2     1    14
 -7.5784305768199589E-01 a        39     0     2     1    15
  2.3671075902692507E+00 a        40     0     2     1    16
  1.5462573846407337E+00 a        41     0     2     1    17
 -2.4158429443230636E-01 a        42     0     2     1    18
  2.8232186573075859E+00 a        43     0     2     1    19
  3.0245441852875508E+00 a        44     0     2     1    20
  1.0052458068643739E+00 a        45     0     2     1    21
 -2.5202481130111680E+00 a        46     0     2     1    22
 -4.8023608870356543E-01 a        47     0     2     1    23
  1.6846723783606075E+00 a        48     0     2     1    24
 -3.4221429560945076E+00 a        49     0     3     1     1
 -1.0308257509084610E+01 a        50     0     3     1     2
 -7.6359180735788534E+00 a        51     0     3     1     3
 -3.0478254852437265E+00 a        52     0     3     1     4
 -9.3061982528745428E+00 a        53     0     3     1     5
 -6.3653039738018968E+00 a        54     0     3     1     6
 -3.8302118382853374E+00 a        55     0     3     1     7
 -4.3756045491272726E+00 a        56     0     3     1     8
  1.2011204414870358E+01 a        57     0     3     1     9
  1.7962119206520573E+00 a        58     0     3     1    10
  8.1940902662479722E+00 a        59     0     3     1    11
  9.8239305875979603E+00 a        60     0     3     1    12
 -7.6610679370896078E+00 a        61     0     3     1    13
  4.1951250444273507E+00 a        62     0     3     1    14
 -6.8595693421064441E+00 a        63     0     3     1    15
  9.1890293603252911E+00 a        64     0     3     1    16
  3.8798071523793194E+00 a        65     0     3     1    17
  1.3601894394356178E+00 a        66     0     3     1    18
  3.4745698635798905E-01 a        67     0     3     1    19
  3.2200256974484853E+00 a        68     0     3     1    20
 -5.7170483638694716E+00 a        69     0     3     1    21
  1.0310336726219351E+01 a        70     0     3     1    22
  6.6625328408342783E+00 a        71     0     3     1    23
 -1.6796041589498885E+00 a        72     0     3     1    24
  5.3461392805224763E+00 a        73     0     4     1     1
  1.2552163717555009E+01 a        74     0     4     1     2
  1.5615944930380692E+01 a        75     0     4     1     3
  1.1885534291071918E+00 a        76     0     4     1     4
  1.1864522102089687E+01 a        77     0     4     1     5
  1.1098317804404571E+01 a        78     0     4     1     6
  4.1813565260770247E+00 a        79     0     4     1     7
  2.4957411648567412E+01 a        80     0     4     1     8
 -1.3206385677097593E+01 a        81     0     4     1     9
 -3.4390535366943538E+00 a        82     0     4     1    10
 -6.8604543918093848E+00 a        83     0     4     1    11
 -1.4065114215120913E+01 a        84     0     4     1    12
  1.3088328700691900E+01 a        85     0     4     1    13
 -1.0486130395249084E+01 a        86     0     4     1    14
  6.2938481008394280E+00 a        87     0     4     1    15
 -5.8692957240521739E+00 a        88     0     4     1    16
 -3.7610306342535029E+00 a        89     0     4     1    17
 -1.0741819742955530E+00 a        90     0     4     1    18
  3.3609042258872730E+00 a        91     0     4     1    19
 -3.2354943526269535E+00 a        92     0     4     1    20
  9.1200350135545420E+00 a        93     0     4     1    21
 -1.8086592296577514E+01 a        94     0     4     1    22
 -7.8819851790102655E+00 a        95     0     4     1    23
  5.4559517494583298E+00 a        96     0     4     1    24
 -4.5254897819308526E-02 a        97     0     5     1     1
 -1.2394923556705666E+00 a        98     0     5     1     2
  2.1795456826584458E+00 a        99     0     5     1     3
 -9.6158731311018741E-01 a       100     0     5     1     4
 -3.3993502577949253E-01 a       101     0     5     1     5
 -1.5912178778289214E+00 a       102     0     5     1     6
 -1.0066922548207207E+00 a       103     0     5     1     7
 -1.3918139990340370E+00 a       104     0     5     1     8
 -6.0535993681086316E-02 a       105     0     5     1     9
 -2.7226245111172182E-02 a       106     0     5     1    10
 -1.8129505814017188E+00 a       107     0     5     1    11
 -2.1596881904824663E+00 a       108     0     5     1    12
 -1.4502110910061252E+00 a       109     0     5     1    13
  8.8871009478340979E-01 a       110     0     5     1    14
 -2.2823383301629058E-01 a       111     0     5     1    15
 -4.2271544269855399E+00 a       112     0     5     1    16
  1.5477731446845060E+00 a       113     0     5     1    17
 -1.5332775821639155E-01 a       114     0     5     1    18
 -1.0922626409179594E+00 a       115     0     5     1    19
 -2.4812733548563698E-02 a       116     0     5     1    20
 -3.5831796968834700E-01 a       117     0     5     1    21
  5.6225735088368201E-01 a       118     0     5     1    22
 -3.0030205678343364E-01 a       119     0     5     1    23
  1.4211164175251183E+00 a       120     0     5     1    24
 -2.9895060563337457E+00 a       121     0     6     1     1
 -2.4469543147006903E-01 a       122     0     6     1     2
 -7.7499455943480677E-02 a       123     0     6     1     3
 -1.1272364580545493E+00 a       124     0     6     1     4
  7.7238058262055365E-01 a       125     0     6     1     5
 -6.4682929939522271E-01 a       126     0     6     1     6
 -2.5844552631697995E+00 a       127     0     6     1     7
 -2.3197836164580075E+00 a       128     0     6     1     8
  9.0574033824324558E-03 a       129     0     6     1     9
  1.8512919438788420E+00 a       130     0     6     1    10
 -1.5060888314899925E+00 a       131     0     6     1    11
  2.4997625385077474E-01 a       132     0     6     1    12
 -1.3055110169437345E+00 a       133     0     6     1    13
  9.4123087225455704E-01 a       134     0     6     1    14
  9.6398796688538868E-01 a       135     0     6     1    15
 -6.2967259553669175E-01 a       136     0     6     1    16
  1.7884631672138557E-01 a       137     0     6     1    17
  6.6535126577173853E-01 a       138     0     6     1    18
 -2.4048182206964679E+00 a       139     0     6     1    19
 -1.5671810764263241E+00 a       140     0     6     1    20
 -6.2347066580177057E-01 a       141     0     6     1    21
  1.0831411939443181E+00 a       142     0     6     1    22
 -7.6478003687969265E-01 a       143     0     6     1    23
 -3.2267153208182509E-01 a       144     0     6     1    24
  4.6222011124560702E-01 a       145     0     7     1     1
 -1.2586963506983022E+00 a       146     0     7     1     2
 -1.6803555698993598E+01 a       147     0     7     1     3
  2.6232612148752383E+00 a       148     0     7     1     4
 -3.7312677276306387E+00 a       149     0     7     1     5
 -1.0764065302794956E+01 a       150     0     7     1     6
  3.6195213302836975E+00 a       151     0     7     1     7
 -3.0603285596840450E+01 a       152     0     7     1     8
  2.1734197230823065E+00 a       153     0     7     1     9
  7.6841814080760629E-01 a       154     0     7     1    10
 -2.8373931496281597E+00 a       155     0     7     1    11
  1.2138333760705436E+01 a       156     0     7     1    12
 -1.0929357473382353E+01 a       157     0     7     1    13
  9.4199709975335040E+00 a       158     0     7     1    14
  2.2590164850539121E+00 a       159     0     7     1    15
 -2.7489278754536075E+00 a       160     0     7     1    16
  3.0770092065751227E+00 a       161     0     7     1    17
  3.4532144147647020E-01 a       162     0     7     1    18
 -7.8830824120752947E+00 a       163     0     7     1    19
  2.4590275246421838E+00 a       164     0     7     1    20
 -6.5050099252500413E+00 a       165     0     7     1    21
  1.5324980865809417E+01 a       166     0     7     1    22
  4.7620811384548885E-02 a       167     0     7     1    23
 -4.9204135750280473E+00 a       168     0     7     1    24
 -2.3616505687879163E+00 a       169     0     8     1     1
 -1.0856873310664228E+00 a       170     0     8     1     2
  8.0617689614412580E+00 a       171     0     8     1     3
 -2.7052131237612143E+00 a       172     0     8     1     4
 -1.1332827660566092E+00 a       173     0     8     1     5
  4.5719797483261440E+00 a       174     0     8     1     6
 -4.5776967360953016E+00 a       175     0     8     1     7
  1.3120388462929922E+01 a       176     0     8     1     8
  7.2197644113257753E-01 a       177     0     8     1     9
  1.2912653393557156E+00 a       178     0     8     1    10
  3.6955941581464060E+00 a       179     0     8     1    11
 -5.5533645052968126E+00 a       180     0     8     1    12
  4.0880390190020091E+00 a       181     0     8     1    13
 -3.8482288231641699E+00 a       182     0     8     1    14
 -2.8857914034372727E+00 a       183     0     8     1    15
  1.6746591286374530E+00 a       184     0     8     1    16
 -1.2175967228588487E-01 a       185     0     8     1    17
 -1.5330216411793640E-01 a       186     0     8     1    18
  2.3652964053204451E+00 a       187     0     8     1    19
 -7.0533774031813590E-01 a       188     0     8     1    20
  3.6223524260537823E+00 a       189     0     8     1    21
 -6.9049293761055912E+00 a       190     0     8     1    22
  4.7934605516928380E-02 a       191     0     8     1    23
  2.8359350782692649E+00 a       192     0     8     1    24
  1.6942125842469513E+00 a       193     0     9     1     1
 -1.3338995248853644E+01 a       194     0     9     1     2
  7.7968479523966412E+00 a       195     0     9     1     3
 -1.3710612518938197E+01 a       196     0     9     1     4
 -1.5234994755353107E+01 a       197     0     9     1     5
 -2.0215338631456664E+01 a       198     0     9     1     6
  6.7264890361060425E+00 a       199     0     9     1     7
 -1.9105321799387092E+01 a       200     0     9     1     8
 -1.0196758309379985E+00 a       201     0     9     1     9
  6.8493865112194774E+00 a       202     0     9     1    10
 -7.3916252878058870E+00 a       203     0     9     1    11
 -8.5510402767060860E+00 a       204     0     9     1    12
  2.2910558950710515E-02 a       205     0     9     1    13
 -1.7458496739734373E+00 a       206     0     9     1    14
  1.6646731628088420E+00 a       207     0     9     1    15
  6.5186156103311186E+00 a       208     0     9     1    16
 -1.1012022877399748E+01 a       209     0     9     1    17
  1.0429521031375362E+00 a       210     0     9     1    18
 -6.5971717284629099E+00 a       211     0     9     1    19
 -2.8694207431338064E+00 a       212     0     9     1    20
 -4.5783222374488286E+00 a       213     0     9     1    21
  3.8700869305138501E+00 a       214     0     9     1    22
  1.9676828127345858E-01 a       215     0     9     1    23
 -1.6328898390088089E+00 a       216     0     9     1    24
 -7.2207027120180403E+00 a       217     0    10     1     1
  3.7597658058855904E-01 a       218     0    10     1     2
 -2.9565887632750867E+00 a       219     0    10     1     3
  1.6326977824169073E+00 a       220     0    10     1     4
 -1.1831132554444825E+00 a       221     0    10     1     5
 -3.4568840685896798E+00 a       222     0    10     1     6
  1.4413639202347359E-01 a       223     0    10     1     7
 -6.1812571927619793E+00 a       224     0    10     1     8
 -1.0380137933254627E+00 a       225     0    10     1     9
 -2.4070402932162032E+00 a       226     0    10     1    10
 -1.3075428674947398E-01 a       227     0    10     1    11
  6.5305333951593818E+00 a       228     0    10     1    12
 -2.9694807370639866E+00 a       229     0    10     1    13
  7.2619150321466694E+00 a       230     0    10     1    14
 -4.1142381183155727E+00 a       231     0    10     1    15
  1.0245572946584929E+01 a       232     0    10     1    16
  1.6771529488937598E+00 a       233     0    10     1    17
 -1.3427498055816678E+00 a       234     0    10     1    18
  4.9160414816533882E+00 a       235     0    10     1    19
 -7.6024974803092416E-01 a       236     0    10     1    20
  3.2072787905041884E+00 a       237     0    10     1    21
  4.0437863767313589E+00 a       238     0    10     1    22
  2.7101909689009669E+00 a       239     0    10     1    23
 -1.3643555544227999E+00 a       240     0    10     1    24
  3.2740068805508238E+00 a       241     0    11     1     1
 -6.2513685661982281E+00 a       242     0    11     1     2
 -2.5508295926238933E+00 a       243     0    11     1     3
  7.5415431403729878E+00 a       244     0    11     1     4
 -3.3159801514422780E+00 a       245     0    11     1     5
 -1.4279041111727269E+01 a       246     0    11     1     6
 -3.0067396726839593E+00 a       247     0    11     1     7
 -2.9069857780460257E+01 a       248     0    11     1     8
 -4.9967530247985810E+00 a       249     0    11     1     9
 -7.8200953074532134E+00 a       250     0    11     1    10
 -1.0998984358137660E+00 a       251     0    11     1    11
 -8.4901082120797575E+00 a       252     0    11     1    12
  2.2522851062450233E-01 a       253     0    11     1    13
  8.2401538604934235E+00 a       254     0    11     1    14
 -3.3358266471279854E+00 a       255     0    11     1    15
  1.0447856696680866E+01 a       256     0    11     1    16
 -6.3571823853051681E+00 a       257     0    11     1    17
 -1.4604155628702610E+01 a       258     0    11     1    18
 -7.7685671818745945E+00 a       259     0    11     1    19
 -7.6040048728594156E+00 a       260     0    11     1    20
 -1.0079380237380533E+00 a       261     0    11     1    21
  6.4044869478288859E+00 a       262     0    11     1    22
  1.2840886580288998E+01 a       263     0    11     1    23
 -7.5931341049518410E+00 a       264     0    11     1    24
  1.0069495602284032E+01 a       265     0    12     1     1
 -3.0378229137921067E+00 a       266     0    12     1     2
  2.2593344398549009E+00 a       267     0    12     1     3
  8.7973239820233093E+00 a       268     0    12     1     4
  1.9805027981274568E+00 a       269     0    12     1     5
 -1.1314053286906057E+01 a       270     0    12     1     6
 -1.2648012797896625E+01 a       271     0    12     1     7
  6.7958942282186765E+00 a       272     0    12     1     8
 -1.6464013138853339E+01 a       273     0    12     1     9
  2.2923464409443749E+01 a       274     0    12     1    10
  6.7915046622545550E+00 a       275     0    12     1    11
 -1.9940501415878536E+01 a       276     0    12     1    12
 -2.3165370419318084E+01 a       277     0    12     1    13
  1.7669644093268900E+01 a       278     0    12     1    14
 -2.1683686057328998E+01 a       279     0    12     1    15
  1.8764542995160276E+00 a       280     0    12     1    16
  7.1154131955617261E-01 a       281     0    12     1    17
 -5.1808085954490757E+00 a       282     0    12     1    18
 -8.2101870297590747E+00 a       283     0    12     1    19
 -1.3888626215443770E+01 a       284     0    12     1    20
 -7.4000020454043280E+00 a       285     0    12     1    21
 -7.3168488222232089E+00 a       286     0    12     1    22
 -6.6340593715364813E+00 a       287     0    12     1    23
  3.0975438361579361E+01 a       288     0    12     1    24
  9.0708286532090607E+00 a       289     0    13     1     1
  3.3484445354016721E+00 a       290     0    13     1     2
 -3.2430367337025321E+00 a       291     0    13     1     3
 -9.6261335686723826E-01 a       292     0    13     1     4
 -3.3673223436056605E+00 a       293     0    13     1     5
  3.4952368215814249E+00 a       294     0    13     1     6
  4.7551775605566871E+00 a       295     0    13     1     7
  4.0174709152541874E+00 a       296     0    13     1     8
 -1.7158096849196349E+00 a       297     0    13     1     9
 -1.2813569917848082E+00 a       298     0    13     1    10
  9.8803297936338534E+00 a       299     0    13     1    11
 -5.4214294764137150E-01 a       300     0    13     1    12
  4.4204609017673322E+00 a       301     0    13     1    13
 -2.8539532486426205E+00 a       302     0    13     1    14
  3.4606927117242430E+00 a       303     0    13     1    15
  4.6951911052833308E+00 a       304     0    13     1    16
 -2.8641133304070343E-01 a       305     0    13     1    17
 -2.0203240252411598E+00 a       306     0    13     1    18
  4.2973253633076371E+00 a       307     0    13     1    19
  7.8689235085127693E+00 a       308     0    13     1    20
  9.3349650615321866E-01 a       309     0    13     1    21
 -1.1575856065379431E+00 a       310     0    13     1    22
  3.0062205460083438E+00 a       311     0    13     1    23
  1.8167779420255872E+00 a       312     0    13     1    24
 -2.8169064034566889E+00 a       313     0    14     1     1
 -4.9202672424354992E+00 a       314     0    14     1     2
  9.5986095708218446E+00 a       315     0    14     1     3
 -8.0538068778590102E+00 a       316     0    14     1     4
  5.5754786261227833E+00 a       317     0    14     1     5
  1.0968064758694274E+01 a       318     0    14     1     6
  1.6045203067596244E+01 a       319     0    14     1     7
 -4.1551885944412845E+00 a       320     0    14     1     8
 -2.8121306279173496E+01 a       321     0    14     1     9
  9.2001977667005495E+00 a       322     0    14     1    10
 -6.6326945508480817E-01 a       323     0    14     1    11
 -4.1138555302346340E+01 a       324     0    14     1    12
 -4.3431729846046892E+01 a       325     0    14     1    13
  1.3983946343657506E+01 a       326     0    14     1    14
 -2.4899279046225949E+01 a       327     0    14     1    15
 -7.4575516204660515E+00 a       328     0    14     1    16
  8.3481521044353997E+00 a       329     0    14     1    17
  3.3995524767547218E+00 a       330     0    14     1    18
 -3.7724568284285006E+01 a       331     0    14     1    19
 -5.4934895781567636E+00 a       332     0    14     1    20
  1.9496192890254196E+01 a       333     0    14     1    21
 -1.1212966886549440E+01 a       334     0    14     1    22
 -2.0411377578292324E+01 a       335     0    14     1    23
  5.5035410666762070E+00 a       336     0    14     1    24
 -9.4549223286306205E-01 a       337     0    15     1     1
  2.2377851823486981E+00 a       338     0    15     1     2
 -3.4426990419687091E+00 a       339     0    15     1     3
  1.5381948761209696E+00 a       340     0    15     1     4
  8.2845740271819368E-01 a       341     0    15     1     5
  1.1862115512776708E+00 a       342     0    15     1     6
 -1.6507576449261258E-01 a       343     0    15     1     7
 -1.8367094804855064E+00 a       344     0    15     1     8
 -3.0163723128758742E+00 a       345     0    15     1     9
  4.3462940178207035E+00 a       346     0    15     1    10
  3.1852548995650687E+00 a       347     0    15     1    11
 -1.2662326488447129E+00 a       348     0    15     1    12
 -2.0302140452688806E+00 a       349     0    15     1    13
  2.2740704098277611E+00 a       350     0    15     1    14
 -1.0923866732481635E+00 a       351     0    15     1    15
  4.9636703113305298E+00 a       352     0    15     1    16
  3.0477945155485725E-01 a       353     0    15     1    17
  8.6431825428636578E-03 a       354     0    15     1    18
  2.5240217574465640E+00 a       355     0    15     1    19
 -1.3672867313333212E+00 a       356     0    15     1    20
 -2.5453636814348508E+00 a       357     0    15     1    21
 -1.2435228149008724E+00 a       358     0    15     1    22
 -7.0727553123137987E-01 a       359     0    15     1    23
  2.8373414133272230E+00 a       360     0    15     1    24
  2.3535632642866164E+00 a       361     0    16     1     1
 -6.1412764958573431E-02 a       362     0    16     1     2
 -3.7722501807869407E-01 a       363     0    16     1     3
 -9.2584263808714073E-01 a       364     0    16     1     4
 -8.6063082640532540E-01 a       365     0    16     1     5
  5.6401061856624750E+00 a       366     0    16     1     6
  4.6062975810564035E+00 a       367     0    16     1     7
  6.5739186796980267E+00 a       368     0    16     1     8
  1.3368113130124639E+00 a       369     0    16     1     9
 -1.5505160415599748E+00 a       370     0    16     1    10
  1.7768964469136301E+00 a       371     0    16     1    11
  6.3138581223326962E-01 a       372     0    16     1    12
  7.2503198636511190E-01 a       373     0    16     1    13
  1.3135232248071416E+00 a       374     0    16     1    14
  1.4750827448724479E+00 a       375     0    16     1    15
  6.1899062452192970E+00 a       376     0    16     1    16
  7.1757409027318386E-01 a       377     0    16     1    17
  8.7564795718021471E-01 a       378     0    16     1    18
  5.9891564599123219E+00 a       379     0    16     1    19
  9.0724931994995428E-01 a       380     0    16     1    20
  1.2856326296403423E-01 a       381     0    16     1    21
  7.9991170435329040E-01 a       382     0    16     1    22
  1.2367740836759207E+00 a       383     0    16     1    23
 -1.5028058815017034E-01 a       384     0    16     1    24
 -2.4531768212854086E+00 a       385     0    17     1     1
 -2.5280564479525425E+00 a       386     0    17     1     2
  2.4248283920707254E+00 a       387     0    17     1     3
 -1.1906851517392978E+00 a       388     0    17     1     4
  1.9989121040071800E+00 a       389     0    17     1     5
  3.7265554316663989E+00 a       390     0    17     1     6
  4.3400443234214716E+00 a       391     0    17     1     7
  5.5498603010499634E+00 a       392     0    17     1     8
  2.1992401314511731E+00 a       393     0    17     1     9
  1.5088847936476488E+00 a       394     0    17     1    10
 -5.5283492330755402E-01 a       395     0    17     1    11
 -2.5288925709648526E+00 a       396     0    17     1    12
 -7.9235219766054730E+00 a       397     0    17     1    13
  1.7844400396803075E+00 a       398     0    17     1    14
 -4.2975036347235216E+00 a       399     0    17     1    15
  7.8006690388882731E+00 a       400     0    17     1    16
 -8.6250186887849078E-02 a       401     0    17     1    17
  2.1856360711801210E+00 a       402     0    17     1    18
 -3.8909325639964143E+00 a       403     0    17     1    19
 -1.8862273573662653E+00 a       404     0    17     1    20
  1.6487022853525968E+00 a       405     0    17     1    21
  3.5470142255328594E+00 a       406     0    17     1    22
  1.2846036641720042E+00 a       407     0    17     1    23
 -1.9263841289256487E+00 a       408     0    17     1    24
 -4.5456188683892060E+00 a       409     0    18     1     1
  2.5074994434208811E+01 a       410     0    18     1     2
 -7.3862053711094315E+00 a       411     0    18     1     3
  3.4248838174198909E+01 a       412     0    18     1     4
  2.6586650952872407E+01 a       413     0    18     1     5
  2.0464031167189642E+01 a       414     0    18     1     6
 -1.9827480750363936E+01 a       415     0    18     1     7
  2.9998418452403687E+01 a       416     0    18     1     8
 -2.2244692951555939E-01 a       417     0    18     1     9
 -1.5911023397109702E+01 a       418     0    18     1    10
  3.7725273930554484E+00 a       419     0    18     1    11
  1.6378617506802915E+01 a       420     0    18     1    12
 -2.0354530115266549E+01 a       421     0    18     1    13
  1.7757301381572219E+01 a       422     0    18     1    14
 -2.1056912223432629E+01 a       423     0    18     1    15
 -3.6368265124225857E+01 a       424     0    18     1    16
  2.9863669437122788E+01 a       425     0    18     1    17
 -3.7290292427278620E+00 a       426     0    18     1    18
 -3.0077322304494976E+00 a       427     0    18     1    19
 -7.6401969930887192E+00 a       428     0    18     1    20
  1.6035400576245429E+01 a       429     0    18     1    21
 -3.8368449577228820E+00 a       430     0    18     1    22
 -9.8963887071702157E+00 a       431     0    18     1    23
  1.2686357401150019E+01 a       432     0    18     1    24
 -7.3026873018126510E+00 a       433     0    19     1     1
 -5.7084709530977609E+00 a       434     0    19     1     2
  8.5881886179212650E+00 a       435     0    19     1     3
  1.8333577106131711E+00 a       436     0    19     1     4
  5.5218370323205708E+00 a       437     0    19     1     5
 -8.5729542480081911E+00 a       438     0    19     1     6
 -1.0362077386044627E+01 a       439     0    19     1     7
 -6.8081157379918151E+00 a       440     0    19     1     8
  3.5178884666179875E+00 a       441     0    19     1     9
  4.9832514958523957E+00 a       442     0    19     1    10
 -1.7411425140866722E+01 a       443     0    19     1    11
 -7.3249350611742878E+00 a       444     0    19     1    12
 -5.8836534759367618E+00 a       445     0    19     1    13
 -4.8612742766484196E+00 a       446     0    19     1    14
 -3.7557814609119164E+00 a       447     0    19     1    15
 -2.5294519991500461E+01 a       448     0    19     1    16
 -1.6975633685492701E+00 a       449     0    19     1    17
  2.8397192561690074E+00 a       450     0    19     1    18
 -1.7748832147041490E+01 a       451     0    19     1    19
 -1.0258376572289855E+01 a       452     0    19     1    20
 -3.1233036419189348E+00 a       453     0    19     1    21
 -3.1728835192333933E+00 a       454     0    19     1    22
 -7.3385132441834058E+00 a       455     0    19     1    23
 -1.4465338386992035E+00 a       456     0    19     1    24
 -1.6865871903628872E+01 a       457     0    20     1     1
  3.6496597879779252E+01 a       458     0    20     1     2
 -2.4598156687877101E-01 a       459     0    20     1     3
 -8.5969563699745493E+00 a       460     0    20     1     4
  7.3642564849380001E+00 a       461     0    20     1     5
  2.9180063465793989E+01 a       462     0    20     1     6
  8.4596117191286897E+00 a       463     0    20     1     7
  4.9869062263922203E+01 a       464     0    20     1     8
 -2.0938545612162596E+01 a       465     0    20     1     9
  2.3484079246359499E+01 a       466     0    20     1    10
 -1.1834775214798984E+01 a       467     0    20     1    11
  1.6452527652878160E+01 a       468     0    20     1    12
 -1.1934701169213403E+01 a       469     0    20     1    13
 -3.8314325149680939E+00 a       470     0    20     1    14
  1.6999124536849579E+00 a       471     0    20     1    15
 -4.0816542822011350E+01 a       472     0    20     1    16
  1.6421794913586467E+01 a       473     0    20     1    17
  3.1466323648717669E+01 a       474     0    20     1    18
  1.9058027210614934E+01 a       475     0    20     1    19
  8.6292451479364960E+00 a       476     0    20     1    20
  2.2295203535136061E+01 a       477     0    20     1    21
 -2.6404121140071791E+01 a       478     0    20     1    22
 -5.4758842412043066E+01 a       479     0    20     1    23
  1.7353443580203447E+01 a       480     0    20     1    24
  1.6689335205987565E+00 a       481     0    21     1     1
 -1.0962002283210708E+01 a       482     0    21     1     2
  6.0052144437629256E+00 a       483     0    21     1     3
 -1.8083642290186500E+01 a       484     0    21     1     4
 -1.2038037028738104E+01 a       485     0    21     1     5
 -3.7098347476975504E+00 a       486     0    21     1     6
  1.4275714226756334E+01 a       487     0    21     1     7
 -1.0687582564208091E+01 a       488     0    21     1     8
  8.7026963493039702E+00 a       489     0    21     1     9
 -4.8214473612100992E+00 a       490     0    21     1    10
 -7.3144037592323849E+00 a       491     0    21     1    11
  5.7616365969678029E-01 a       492     0    21     1    12
  1.6289678006356208E+01 a       493     0    21     1    13
 -1.3976936835470040E+01 a       494     0    21     1    14
  1.6539236722373033E+01 a       495     0    21     1    15
  6.7145094040129978E+00 a       496     0    21     1    16
 -1.2856901924129328E+01 a       497     0    21     1    17
  3.9610870317859299E+00 a       498     0    21     1    18
  7.0991615056145407E-01 a       499     0    21     1    19
  9.0004525103212139E+00 a       500     0    21     1    20
 -1.9989103889527202E+00 a       501     0    21     1    21
  5.4436777160516900E+00 a       502     0    21     1    22
  6.0532778372820450E+00 a       503     0    21     1    23
 -1.8206929146044416E+01 a       504     0    21     1    24
  1.0869406049190438E+01 a       505     0    22     1     1
 -1.1912072732358139E+01 a       506     0    22     1     2
 -4.6925159281045534E+00 a       507     0    22     1     3
  7.2307964972120962E+00 a       508     0    22     1     4
 -9.1406093738269973E+00 a       509     0    22     1     5
 -2.0962356809821806E+01 a       510     0    22     1     6
 -1.3059826423590733E+01 a       511     0    22     1     7
 -2.7178140086502935E+01 a       512     0    22     1     8
  1.3533505047966845E+01 a       513     0    22     1     9
 -1.2172511743757864E+01 a       514     0    22     1    10
  4.2188632407929756E+00 a       515     0    22     1    11
  8.4882102042439520E+00 a       516     0    22     1    12
  2.2204903284881770E+01 a       517     0    22     1    13
 -2.3638317517727137E+00 a       518     0    22     1    14
  1.1508375445609083E+01 a       519     0    22     1    15
  1.2574058889093312E+01 a       520     0    22     1    16
 -9.6459417379679344E+00 a       521     0    22     1    17
 -1.8015213491319876E+01 a       522     0    22     1    18
  5.3055538747542732E+00 a       523     0    22     1    19
 -7.2838408004874511E-01 a       524     0    22     1    20
 -1.2857218413287141E+01 a       525     0    22     1    21
  1.3640149332217506E+01 a       526     0    22     1    22
  2.8306582635043672E+01 a       527     0    22     1    23
 -7.9983651202181223E+00 a       528     0    22     1    24
  1.8347289826422258E-01 a       529     0    23     1     1
 -5.9758051059963813E-01 a       530     0    23     1     2
 -1.7502623712927237E+00 a       531     0    23     1     3
 -2.7648046233003711E+00 a       532     0    23     1     4
 -1.7254227364208716E+00 a       533     0    23     1     5
 -3.0240078454440145E-01 a       534     0    23     1     6
  2.3817769198444303E+00 a       535     0    23     1     7
 -4.0855373944525288E+00 a       536     0    23     1     8
 -1.9534776212318279E+00 a       537     0    23     1     9
  2.4154845483523038E+00 a       538     0    23     1    10
  4.2464611495904037E-01 a       539     0    23     1    11
 -4.7627929642011230E-01 a       540     0    23     1    12
  2.5601394261226402E+00 a       541     0    23     1    13
 -7.3895189118514060E-01 a       542     0    23     1    14
  3.6238695747165530E+00 a       543     0    23     1    15
  5.7298967849805615E+00 a       544     0    23     1    16
 -1.3811513305848080E+00 a       545     0    23     1    17
  7.3677752009331937E-02 a       546     0    23     1    18
  2.2099115521705901E+00 a       547     0    23     1    19
  1.1124844380405779E-01 a       548     0    23     1    20
 -2.8089317944335499E+00 a       549     0    23     1    21
  3.6745745797167145E-01 a       550     0    23     1    22
  1.8945095105781845E-01 a       551     0    23     1    23
 -7.9187110433608432E-01 a       552     0    23     1    24
  1.6394643073860911E+00 a       553     0    24     1     1
 -1.0360807239378858E+00 a       554     0    24     1     2
  4.7654057633760216E-01 a       555     0    24     1     3
 -5.9422830082254041E-01 a       556     0    24     1     4
  2.2411306946379109E-01 a       557     0    24     1     5
  4.8311114767407410E+00 a       558     0    24     1     6
  4.5070432982787532E+00 a       559     0    24     1     7
  8.4354245301441093E+00 a       560     0    24     1     8
  6.3476100875344688E-01 a       561     0    24     1     9
 -2.2106574160998518E+00 a       562     0    24     1    10
  8.5726190970769311E-01 a       563     0    24     1    11
 -3.9073932477799911E-01 a       564     0    24     1    12
  6.2013662473151299E-01 a       565     0    24     1    13
  8.5566492615546796E-01 a       566     0    24     1    14
  3.7479064257155936E-01 a       567     0    24     1    15
  7.2262563413937118E+00 a       568     0    24     1    16
  2.1480236167342989E-01 a       569     0    24     1    17
  6.0513839982410245E-01 a       570     0    24     1    18
  3.7091350126186220E+00 a       571     0    24     1    19
 -1.0240575878278542E+00 a       572     0    24     1    20
 -1.4589189185371823E+00 a       573     0    24     1    21
 -5.2518129905362687E-01 a       574     0    24     1    22
  7.1087767743638486E-01 a       575     0    24     1    23
  1.7487756966829671E-01 a       576     0    24     1    24
  7.4040124427640630E-01 a       577     0    25     1     1
 -3.9641243225206262E+00 a       578     0    25     1     2
  6.8329217741517123E-01 a       579     0    25     1     3
  8.7314368916296847E-01 a       580     0    25     1     4
  1.2094306737432066E+00 a       581     0    25     1     5
  4.8978745861789547E-01 a       582     0    25     1     6
  4.5351433948589231E-01 a       583     0    25     1     7
  2.5040342701325700E+00 a       584     0    25     1     8
  2.4519096999625107E+00 a       585     0    25     1     9
 -1.5900716092524445E+00 a       586     0    25     1    10
 -1.2084273842274027E+00 a       587     0    25     1    11
 -1.5232697314417913E+00 a       588     0    25     1    12
 -4.7745701535306806E-01 a       589     0    25     1    13
  1.2046491562637034E+00 a       590     0    25     1    14
  2.0160361725657929E+00 a       591     0    25     1    15
  8.6659958258277285E+00 a       592     0    25     1    16
 -4.4396150660163309E+00 a       593     0    25     1    17
 -1.2907970268621860E+00 a       594     0    25     1    18
 -3.8803893641700102E+00 a       595     0    25     1    19
 -2.3102631989336202E+00 a       596     0    25     1    20
 -1.8904861038823300E+00 a       597     0    25     1    21
  3.1689386838356679E+00 a       598     0    25     1    22
  5.5421006639720050E+00 a       599     0    25     1    23
 -4.3568813548785048E+00 a       600     0    25     1    24
  8.6613777047596241E-01 a       601     0    26     1     1
 -4.8672007043303562E+00 a       602     0    26     1     2
  4.0074735121620266E+00 a       603     0    26     1     3
 -1.7748953967885028E+00 a       604     0    26     1     4
 -1.9854477520277396E+00 a       605     0    26     1     5
 -4.7531119132142896E+00 a       606     0    26     1     6
 -1.9668526159778681E+00 a       607     0    26     1     7
  1.2078833487803913E+00 a       608     0    26     1     8
  2.2327271212502237E-01 a       609     0    26     1     9
  1.4991532906464007E+00 a       610     0    26     1    10
 -1.5695923157659970E+00 a       611     0    26     1    11
 -2.7050244333709674E+00 a       612     0    26     1    12
 -1.0507854276053528E+00 a       613     0    26     1    13
 -1.0561217722301071E+00 a       614     0    26     1    14
 -2.0895641778605341E+00 a       615     0    26     1    15
 -1.8438549614733379E+00 a       616     0    26     1    16
 -2.8671198126255475E+00 a       617     0    26     1    17
 -8.3754982455952587E-01 a       618     0    26     1    18
 -3.2266713643029257E+00 a       619     0    26     1    19
 -4.1052327166547170E-01 a       620     0    26     1    20
  1.4425542661935464E+00 a       621     0    26     1    21
  2.0377258528683781E-01 a       622     0    26     1    22
  1.1393394908471657E+00 a       623     0    26     1    23
  9.7179386410833180E-01 a       624     0    26     1    24
 -2.9272857018360149E-01 a       625     0    27     1     1
  3.3765332362436160E+00 a       626     0    27     1     2
 -1.9784414979330207E+00 a       627     0    27     1     3
  5.4140878544732085E-01 a       628     0    27     1     4
 -1.4035080064789907E+00 a       629     0    27     1     5
 -7.5585043993239855E+00 a       630     0    27     1     6
 -3.8853244576663561E+00 a       631     0    27     1     7
 -1.0572092905252831E+01 a       632     0    27     1     8
 -3.8411212997974253E+00 a       633     0    27     1     9
  2.3390408140601835E+00 a       634     0    27     1    10
  2.8762070128640658E+00 a       635     0    27     1    11
  2.8060896201928749E+00 a       636     0    27     1    12
 -6.0834776631394283E-01 a       637     0    27     1    13
 -5.7680464399237430E-01 a       638     0    27     1    14
 -1.2003229422939719E+00 a       639     0    27     1    15
 -3.1174625568841745E+00 a       640     0    27     1    16
  3.6992010955369919E-01 a       641     0    27     1    17
 -3.0230828832154848E+00 a       642     0    27     1    18
 -3.5031240340833198E+00 a       643     0    27     1    19
  2.7196270806412977E+00 a       644     0    27     1    20
  2.9666678137808118E+00 a       645     0    27     1    21
  1.3164308807795071E+00 a       646     0    27     1    22
  5.4060887625695631E-01 a       647     0    27     1    23
  7.9282243715147416E-01 a       648     0    27     1    24
  2.2365041840702271E+00 a       649     0    28     1     1
 -3.1963668488090186E-01 a       650     0    28     1     2
 -7.8137931771087965E-01 a       651     0    28     1     3
 -1.4052687235200453E-01 a       652     0    28     1     4
 -1.6719149862455229E+00 a       653     0    28     1     5
 -4.3805178271962424E+00 a       654     0    28     1     6
 -5.9721747158736194E-01 a       655     0    28     1     7
 -1.0947001515141526E+01 a       656     0    28     1     8
 -3.4250995386407945E+00 a       657     0    28     1     9
 -1.3141068693825759E+00 a       658     0    28     1    10
  3.5632705880982818E+00 a       659     0    28     1    11
 -2.7738283658329763E+00 a       660     0    28     1    12
  1.9400868934454365E+00 a       661     0    28     1    13
  8.7154566748209247E-02 a       662     0    28     1    14
 -3.3142888448451875E+00 a       663     0    28     1    15
 -4.4012273920792966E+00 a       664     0    28     1    16
  2.8362922170196860E+00 a       665     0    28     1    17
 -3.7235489679458613E+00 a       666     0    28     1    18
 -7.7509205614833920E-01 a       667     0    28     1    19
  8.8944186158479266E-01 a       668     0    28     1    20
 -1.1943349987904410E+00 a       669     0    28     1    21
 -1.5456096781198470E+00 a       670     0    28     1    22
  4.8641858537465266E-03 a       671     0    28     1    23
  2.9592103970834884E+00 a       672     0    28     1    24
 -1.0644187111674428E+01 a       673     0    29     1     1
  2.4377103371213851E+00 a       674     0    29     1     2
 -5.3606807298985784E+00 a       675     0    29     1     3
 -8.7777374239225576E+00 a       676     0    29     1     4
 -1.4191435147772582E+00 a       677     0    29     1     5
  1.1343021593869139E+01 a       678     0    29     1     6
  8.8313570287942316E+00 a       679     0    29     1     7
 -8.1145393296882009E+00 a       680     0    29     1     8
  1.1637134809957381E+01 a       681     0    29     1     9
 -1.4338759662031219E+01 a       682     0    29     1    10
 -2.1422589658903255E+00 a       683     0    29     1    11
  1.5773504330820289E+01 a       684     0    29     1    12
  2.3335173454197093E+01 a       685     0    29     1    13
 -1.7642434884148269E+01 a       686     0    29     1    14
  2.1968586942557639E+01 a       687     0    29     1    15
  5.6342800065034178E+00 a       688     0    29     1    16
 -3.9743430124620223E+00 a       689     0    29     1    17
  3.8605732523258900E+00 a       690     0    29     1    18
  1.1329358261581580E+01 a       691     0    29     1    19
  1.2195333164442149E+01 a       692     0    29     1    20
  3.6853600824900470E+00 a       693     0    29     1    21
  4.5774156294254480E+00 a       694     0    29     1    22
  7.3879191109679656E+00 a       695     0    29     1    23
 -2.6789049625112565E+01 a       696     0    29     1    24
  2.6658600084025346E+00 a       697     0    30     1     1
 -2.7954740068484409E+00 a       698     0    30     1     2
 -5.9319609940039877E+00 a       699     0    30     1     3
  5.0633383801328193E+00 a       700     0    30     1     4
 -4.2689017588912739E+00 a       701     0    30     1     5
 -1.0562531618196793E+01 a       702     0    30     1     6
 -1.3068268784303244E+01 a       703     0    30     1     7
  4.8037152982963889E+00 a       704     0    30     1     8
  3.4097902963294487E+01 a       705     0    30     1     9
 -9.6439374030217664E+00 a       706     0    30     1    10
  5.1351816857766082E+00 a       707     0    30     1    11
  3.1191718812447625E+01 a       708     0    30     1    12
  3.6044676890705290E+01 a       709     0    30     1    13
 -1.5338113768516829E+01 a       710     0    30     1    14
  1.7649471473670033E+01 a       711     0    30     1    15
  1.4273992488142591E+01 a       712     0    30     1    16
 -7.9477785537075354E+00 a       713     0    30     1    17
 -3.3025952481662055E+00 a       714     0    30     1    18
  2.8339230218347286E+01 a       715     0    30     1    19
  5.0572536094650085E+00 a       716     0    30     1    20
 -2.1635951046449261E+01 a       717     0    30     1    21
  1.2693837787411708E+01 a       718     0    30     1    22
  2.6809774162566743E+01 a       719     0    30     1    23
 -5.1073003486157118E+00 a       720     0    30     1    24
 -5.9250456069602242E-01 a       721     0    31     1     1
 -1.3111787030540205E+00 a       722     0    31     1     2
  1.6947894928643609E-01 a       723     0    31     1     3
  1.2447232387436126E-01 a       724     0    31     1     4
 -7.6711540879383464E-02 a       725     0    31     1     5
  1.6461897618752722E-01 a       726     0    31     1     6
 -1.3870129299812382E+00 a       727     0    31     1     7
  3.4403521157282145E-02 a       728     0    31     1     8
  1.3131827383445391E-01 a       729     0    31     1     9
  1.2395776328856514E-01 a       730     0    31     1    10
  2.2783564587497515E-01 a       731     0    31     1    11
 -2.7784347884403077E-01 a       732     0    31     1    12
  4.2077136071422333E-01 a       733     0    31     1    13
  4.9516452085544771E-01 a       734     0    31     1    14
  6.5275623645846692E-01 a       735     0    31     1    15
  9.4581581497337930E-01 a       736     0    31     1    16
 -1.4151889555793540E-01 a       737     0    31     1    17
  4.3453843431132994E-01 a       738     0    31     1    18
  5.5388724122308275E-01 a       739     0    31     1    19
  5.6742965082902175E-01 a       740     0    31     1    20
 -1.4382946806405525E-01 a       741     0    31     1    21
  7.6244442682896840E-01 a       742     0    31     1    22
 -1.9049335163134770E-01 a       743     0    31     1    23
 -2.3801437576953405E-01 a       744     0    31     1    24
  5.4389359840139706E-01 a       745     0    32     1     1
 -1.5484634879494585E-01 a       746     0    32     1     2
  5.6137393100150257E-01 a       747     0    32     1     3
  4.8500680117808267E-02 a       748     0    32     1     4
 -8.3510822012730912E-01 a       749     0    32     1     5
 -4.4451771758440789E-01 a       750     0    32     1     6
 -2.3907685160846651E-01 a       751     0    32     1     7
  4.1449006389073823E-01 a       752     0    32     1     8
  7.5358273989370461E-01 a       753     0    32     1     9
 -1.2947513940748137E+00 a       754     0    32     1    10
 -4.0132423080957119E-01 a       755     0    32     1    11
  3.9944625013883289E-01 a       756     0    32     1    12
 -2.9147862476975685E-02 a       757     0    32     1    13
 -7.2000861073354716E-01 a       758     0    32     1    14
  3.2638262029838758E-02 a       759     0    32     1    15
  5.2128481858821751E-01 a       760     0    32     1    16
 -2.6252169027878242E-01 a       761     0    32     1    17
 -5.5036583558223717E-01 a       762     0    32     1    18
  2.7363066534703956E-01 a       763     0    32     1    19
  2.4397689531940217E-01 a       764     0    32     1    20
  6.0989927865264359E-01 a       765     0    32     1    21
  5.6794703724427931E-01 a       766     0    32     1    22
  4.2021700858928923E-01 a       767     0    32     1    23
 -8.3249036276067367E-01 a       768     0    32     1    24
 -8.1700403962260049E-01 a       769     0    33     1     1
 -8.1922506220122571E-01 a       770     0    33     1     2
 -4.5699540484704992E-01 a       771     0    33     1     3
  9.1335404057517366E-01 a       772     0    33     1     4
 -2.4348921698757883E-01 a       773     0    33     1     5
 -1.2328939123231791E-01 a       774     0    33     1     6
 -4.6485048779358062E-01 a       775     0    33     1     7
 -3.3275527936321631E-01 a       776     0    33     1     8
  7.7008741201249906E-03 a       777     0    33     1     9
 -6.3804415343658008E-02 a       778     0    33     1    10
 -7.9648066383632110E-01 a       779     0    33     1    11
  4.5777395472472021E-01 a       780     0    33     1    12
 -7.0935414236085770E-01 a       781     0    33     1    13
  1.3523639906298495E+00 a       782     0    33     1    14
 -2.3067111882187816E-01 a       783     0    33     1    15
  9.0518404899582494E-01 a       784     0    33     1    16
 -2.8919830884331305E-01 a       785     0    33     1    17
  1.8603001865493207E-01 a       786     0    33     1    18
  1.0812535704156507E+00 a       787     0    33     1    19
 -9.9678359193588839E-01 a       788     0    33     1    20
 -1.7220072232393036E-01 a       789     0    33     1    21
  8.4160647724322657E-01 a       790     0    33     1    22
 -3.5536769438899751E-01 a       791     0    33     1    23
 -4.8256513324811190E-01 a       792     0    33     1    24
  3.1633739705563307E-01 a       793     0    34     1     1
 -1.4206572982478043E+00 a       794     0    34     1     2
  4.6176314323928025E-01 a       795     0    34     1     3
  1.0527853154935471E-01 a       796     0    34     1     4
 -3.5089857368665273E-01 a       797     0    34     1     5
 -3.2267131182474473E-01 a       798     0    34     1     6
 -6.1274513475649728E-01 a       799     0    34     1     7
  9.3351590158762399E-01 a       800     0    34     1     8
 -2.5825728649918712E-02 a       801     0    34     1     9
 -1.0266347527258894E+00 a       802     0    34     1    10
 -1.4320882147591557E-01 a       803     0    34     1    11
 -8.3745846682833719E-02 a       804     0    34     1    12
 -6.1230008038128017E-02 a       805     0    34     1    13
  2.9108368871813289E-01 a       806     0    34     1    14
 -3.7743062240205494E-01 a       807     0    34     1    15
  4.4104081191290911E-01 a       808     0    34     1    16
 -5.1103490236866622E-01 a       809     0    34     1    17
 -9.2383481872252760E-02 a       810     0    34     1    18
  1.4831205551785824E+00 a       811     0    34     1    19
 -1.3623163803356925E-01 a       812     0    34     1    20
  3.3322845140431018E-02 a       813     0    34     1    21
 -7.1813705870545017E-02 a       814     0    34     1    22
 -4.0250437432507884E-02 a       815     0    34     1    23
 -5.2985512581461891E-01 a       816     0    34     1    24
  1.0416829558604119E+00 a       817     0    35     1     1
  2.0031799003625537E+00 a       818     0    35     1     2
 -2.1033521558835204E+00 a       819     0    35     1     3
  1.0271072710758609E+00 a       820     0    35     1     4
  2.3948917310531930E+00 a       821     0    35     1     5
 -5.0818171916255417E-01 a       822     0    35     1     6
  9.0992090250709889E-01 a       823     0    35     1     7
 -2.1072539207532675E+00 a       824     0    35     1     8
 -1.5868227163608526E+00 a       825     0    35     1     9
  6.7817752415123067E-01 a       826     0    35     1    10
 -2.3224421806256133E+00 a       827     0    35     1    11
  3.1081989230568968E-01 a       828     0    35     1    12
  8.9035967203185828E-01 a       829     0    35     1    13
  1.4610370649512811E-01 a       830     0    35     1    14
  5.4980770778206578E-01 a       831     0    35     1    15
  1.0366625893407722E+00 a       832     0    35     1    16
  7.0509419193034462E-01 a       833     0    35     1    17
  6.9793365699986065E-01 a       834     0    35     1    18
 -6.3972812460343076E-01 a       835     0    35     1    19
  7.8336491462100744E-01 a       836     0    35     1    20
 -7.8507272244510340E-01 a       837     0    35     1    21
  5.5181171355605747E-02 a       838     0    35     1    22
  8.6406584799442715E-02 a       839     0    35     1    23
 -8.6701047017911081E-01 a       840     0    35     1    24
 -5.7101356529397396E-01 a       841     0    36     1     1
 -2.7685315571272306E-02 a       842     0    36     1     2
 -2.2292741907951572E-01 a       843     0    36     1     3
 -1.0146898269208662E+00 a       844     0    36     1     4
  6.8703810342101257E-01 a       845     0    36     1     5
  8.9245834330428242E-01 a       846     0    36     1     6
  3.2847857910635786E-01 a       847     0    36     1     7
  7.2574133542459940E-01 a       848     0    36     1     8
 -1.9344300455122637E-01 a       849     0    36     1     9
  5.8580396177281779E-01 a       850     0    36     1    10
  3.0432829472039691E-01 a       851     0    36     1    11
  3.7997283687460331E-01 a       852     0    36     1    12
  8.5092821673271857E-01 a       853     0    36     1    13
  2.7042532038981004E-01 a       854     0    36     1    14
  5.3653677235464781E-01 a       855     0    36     1    15
  1.1109259524550574E+00 a       856     0    36     1    16
  9.3575999719438396E-01 a       857     0    36     1    17
 -2.5956660285449701E-01 a       858     0    36     1    18
  4.3099764594906043E-01 a       859     0    36     1    19
 -1.2932380421036227E-01 a       860     0    36     1    20
  9.6046574682874988E-02 a       861     0    36     1    21
  5.1059394811336911E-01 a       862     0    36     1    22
  1.2039656273619435E+00 a       863     0    36     1    23
  6.1269281505112350E-01 a       864     0    36     1    24
 -1.4838233675715558E+00 a       865     0    37     1     1
  4.7834079072897673E+00 a       866     0    37     1     2
 -2.3484250357784489E+00 a       867     0    37     1     3
  1.9663626187957790E+00 a       868     0    37     1     4
  8.7006578634790377E-01 a       869     0    37     1     5
 -6.2686412163716065E+00 a       870     0    37     1     6
 -4.1762410435877433E+00 a       871     0    37     1     7
 -5.1235053034132347E+00 a       872     0    37     1     8
  2.0398603285060131E+00 a       873     0    37     1     9
  1.1606245658930066E+00 a       874     0    37     1    10
  5.4810460101106118E-01 a       875     0    37     1    11
  2.9455023465517089E+00 a       876     0    37     1    12
 -1.5589997491137559E+00 a       877     0    37     1    13
 -2.4259622933175549E+00 a       878     0    37     1    14
  5.3580205639391627E+00 a       879     0    37     1    15
  4.3507256447922789E+00 a       880     0    37     1    16
 -1.7119235337899337E+00 a       881     0    37     1    17
  1.5664147198072933E+00 a       882     0    37     1    18
 -1.6397151771987171E+00 a       883     0    37     1    19
  9.7263982503801518E+00 a       884     0    37     1    20
  5.9829521200376590E+00 a       885     0    37     1    21
 -6.0229358416289669E-01 a       886     0    37     1    22
  3.8922663364624785E+00 a       887     0    37     1    23
 -5.9730556200884632E-01 a       888     0    37     1    24
  1.0750414905232650E+00 a       889     0    38     1     1
  1.9082537423722740E-01 a       890     0    38     1     2
 -4.8541641815065556E-01 a       891     0    38     1     3
  7.3076083942301973E-02 a       892     0    38     1     4
 -1.6935794066812054E-01 a       893     0    38     1     5
  8.1047913657526249E-01 a       894     0    38     1     6
  1.0788945896887390E+00 a       895     0    38     1     7
  8.9351840596863197E-01 a       896     0    38     1     8
  4.4708594964928017E-01 a       897     0    38     1     9
  4.8331870882041550E-01 a       898     0    38     1    10
  2.2029887859725084E+00 a       899     0    38     1    11
  1.6156087259237109E-01 a       900     0    38     1    12
 -6.4236310367877169E-03 a       901     0    38     1    13
 -4.7312402642765755E-01 a       902     0    38     1    14
 -1.5418355100932104E+00 a       903     0    38     1    15
  2.3872519709704783E+00 a       904     0    38     1    16
 -4.0865535065054547E-02 a       905     0    38     1    17
 -2.0036471317788673E-01 a       906     0    38     1    18
 -5.2492744187167717E-01 a       907     0    38     1    19
  1.3857825720073185E+00 a       908     0    38     1    20
  6.1277132271963575E-01 a       909     0    38     1    21
 -5.3617238142781250E-02 a       910     0    38     1    22
  1.1039824384207366E+00 a       911     0    38     1    23
  2.0906838204922809E-01 a       912     0    38     1    24
 -1.7092010159466184E+00 a       913     0    39     1     1
  1.2788124251033295E+00 a       914     0    39     1     2
  2.1941730588471939E+00 a       915     0    39     1     3
 -3.0472872584386437E+00 a       916     0    39     1     4
 -2.1385225211414260E+00 a       917     0    39     1     5
 -1.7819244450978378E+00 a       918     0    39     1     6
 -3.8219022593670529E+00 a       919     0    39     1     7
 -3.6513045887674536E+00 a       920     0    39     1     8
  4.3888486734562282E-01 a       921     0    39     1     9
  7.0097654506511091E+00 a       922     0    39     1    10
  5.0744333989921051E+00 a       923     0    39     1    11
  6.3550625612511249E+00 a       924     0    39     1    12
 -1.9129671160115602E+00 a       925     0    39     1    13
  9.3768068028764151E-01 a       926     0    39     1    14
 -5.9579849973434147E+00 a       927     0    39     1    15
  4.5675057986735386E+00 a       928     0    39     1    16
  2.8214493715265907E+00 a       929     0    39     1    17
 -3.1157230321803984E+00 a       930     0    39     1    18
  1.2985422302568611E-01 a       931     0    39     1    19
  1.1291981455823790E+00 a       932     0    39     1    20
  5.8320519153980888E+00 a       933     0    39     1    21
  8.9520559643941393E+00 a       934     0    39     1    22
  4.5239527243232192E-01 a       935     0    39     1    23
  2.9451341560705613E+00 a       936     0    39     1    24
  4.0507977055287956E+00 a       937     0    40     1     1
  2.3891810743965397E-01 a       938     0    40     1     2
 -5.6006989607375832E+00 a       939     0    40     1     3
  2.5495148890698043E+00 a       940     0    40     1     4
 -7.7439145302504939E-02 a       941     0    40     1     5
  6.2062707824632757E-01 a       942     0    40     1     6
  5.2687842830941420E+00 a       943     0    40     1     7
 -2.7282581919808884E+00 a       944     0    40     1     8
 -1.0989536159078792E-01 a       945     0    40     1     9
  6.3250778229587079E-02 a       946     0    40     1    10
  4.9949656101038640E+00 a       947     0    40     1    11
 -1.0128458097994788E+00 a       948     0    40     1    12
  3.6588398542049614E+00 a       949     0    40     1    13
 -1.3260561159373916E+00 a       950     0    40     1    14
 -3.7060887078818419E+00 a       951     0    40     1    15
 -1.7120734018561594E+00 a       952     0    40     1    16
 -2.4321384811718758E+00 a       953     0    40     1    17
 -2.1461562845793560E+00 a       954     0    40     1    18
 -6.1413506021528343E+00 a       955     0    40     1    19
  3.1368124557169592E+00 a       956     0    40     1    20
 -1.0821737692458018E+00 a       957     0    40     1    21
 -8.6871569436631191E-01 a       958     0    40     1    22
  2.9453839559024009E+00 a       959     0    40     1    23
  5.5397525886647281E-01 a       960     0    40     1    24
 -3.9133924291029569E-02 a       961     0    41     1     1
 -6.5783056474862578E-01 a       962     0    41     1     2
  1.0807966351383086E-01 a       963     0    41     1     3
  6.2737100918587196E-01 a       964     0    41     1     4
  3.6510504653701881E-01 a       965     0    41     1     5
  3.6577382272781928E-01 a       966     0    41     1     6
  2.3747915929105257E+00 a       967     0    41     1     7
 -1.3894209989435782E-01 a       968     0    41     1     8
  1.7599179355440784E+00 a       969     0    41     1     9
 -3.7648321812015828E-01 a       970     0    41     1    10
  1.2242521665576498E+00 a       971     0    41     1    11
  9.2661827264991325E-01 a       972     0    41     1    12
  1.4028990909218139E-01 a       973     0    41     1    13
  7.3081474855165052E-01 a       974     0    41     1    14
 -2.5819290161056023E+00 a       975     0    41     1    15
 -1.1569423610356548E+00 a       976     0    41     1    16
 -2.1567640323814249E-01 a       977     0    41     1    17
  3.8728198064891356E-01 a       978     0    41     1    18
 -6.2187222427603539E-01 a       979     0    41     1    19
  2.4022960746391147E+00 a       980     0    41     1    20
  1.6272786748208470E+00 a       981     0    41     1    21
  1.1929247391385838E+00 a       982     0    41     1    22
  2.1857793878594149E+00 a       983     0    41     1    23
 -3.7084313977889014E-02 a       984     0    41     1    24
  8.1547368979539954E+00 a       985     0    42     1     1
 -1.0354801833279947E+01 a       986     0    42     1     2
  3.3961517196711348E+00 a       987     0    42     1     3
 -8.7353948581146508E+00 a       988     0    42     1     4
 -3.4602003409816690E-01 a       989     0    42     1     5
  1.5070304392940340E+01 a       990     0    42     1     6
  6.4771891142204243E+00 a       991     0    42     1     7
  1.6338914922520118E+01 a       992     0    42     1     8
 -6.8251094336864480E+00 a       993     0    42     1     9
 -4.5747341671150926E-01 a       994     0    42     1    10
  5.8614858340557241E+00 a       995     0    42     1    11
 -5.6436046494608192E+00 a       996     0    42     1    12
  4.7141659670290323E+00 a       997     0    42     1    13
  2.0562222131239785E-01 a       998     0    42     1    14
 -6.3266993319944049E+00 a       999     0    42     1    15
 -1.0747160727618790E+00 a      1000     0    42     1    16
  6.1932688124296496E+00 a      1001     0    42     1    17
 -5.5340079684263195E+00 a      1002     0    42     1    18
 -1.1202853889815972E-01 a      1003     0    42     1    19
 -1.1986061298253533E+01 a      1004     0    42     1    20
 -9.2220084445678854E+00 a      1005     0    42     1    21
  4.4412176260720422E+00 a      1006     0    42     1    22
 -6.2330634383053096E-01 a      1007     0    42     1    23
  2.4202740518333554E+00 a      1008     0    42     1    24
 -1.3091552531101822E+00 a      1009     0    43     1     1
  1.8455140464491657E+00 a      1010     0    43     1     2
  2.3547923914291138E-01 a      1011     0    43     1     3
 -3.6641827525239262E-01 a      1012     0    43     1     4
  2.5280990255113576E+00 a      1013     0    43     1     5
  1.5263214981439237E+00 a      1014     0    43     1     6
 -1.1923861166564344E-01 a      1015     0    43     1     7
  3.0052845083656825E+00 a      1016     0    43     1     8
 -1.6720620356127683E-01 a      1017     0    43     1     9
 -1.4261629679052772E+00 a      1018     0    43     1    10
  1.9408055448657189E+00 a      1019     0    43     1    11
  4.6888993931117798E-02 a      1020     0    43     1    12
 -1.6649124964432940E-01 a      1021     0    43     1    13
 -3.5496944757337584E-01 a      1022     0    43     1    14
  2.5296175506582803E+00 a      1023     0    43     1    15
  4.8818602887188360E+00 a      1024     0    43     1    16
  3.2549507823789536E-01 a      1025     0    43     1    17
  1.0591537621802478E+00 a      1026     0    43     1    18
  1.4825303606113898E+00 a      1027     0    43     1    19
  1.3781474281482724E+00 a      1028     0    43     1    20
 -1.3226462562803007E+00 a      1029     0    43     1    21
 -1.1687610688870511E+00 a      1030     0    43     1    22
  2.7656228912089004E-01 a      1031     0    43     1    23
  7.4607399641978878E-01 a      1032     0    43     1    24
  4.8222174336089223E+00 a      1033     0    44     1     1
 -8.2030509976173267E+00 a      1034     0    44     1     2
 -7.9545813933857286E+00 a      1035     0    44     1     3
  2.7092894312322748E+00 a      1036     0    44     1     4
  8.4636505136971394E+00 a      1037     0    44     1     5
  9.2296136205766039E+00 a      1038     0    44     1     6
  1.7473696502725888E+00 a      1039     0    44     1     7
  7.1533236499213917E+00 a      1040     0    44     1     8
  1.0153144349182024E+00 a      1041     0    44     1     9
 -4.2604851171057971E+00 a      1042     0    44     1    10
 -5.2819203277113900E+00 a      1043     0    44     1    11
 -9.6431317427832788E+00 a      1044     0    44     1    12
  4.0825742424996383E+00 a      1045     0    44     1    13
 -2.3847186597176032E-01 a      1046     0    44     1    14
  1.7757989811403814E+01 a      1047     0    44     1    15
 -3.0578273390578845E+00 a      1048     0    44     1    16
 -2.1001728445532919E+00 a      1049     0    44     1    17
  6.8180234971541074E+00 a      1050     0    44     1    18
  1.7674147584694413E-01 a      1051     0    44     1    19
  1.3035927359177904E+01 a      1052     0    44     1    20
 -6.3332923391541840E+00 a      1053     0    44     1    21
 -1.0161603153598410E+01 a      1054     0    44     1    22
  5.6745470367688968E+00 a      1055     0    44     1    23
 -6.9133809781281053E-01 a      1056     0    44     1    24
 -3.8997518072550141E+00 a      1057     0    45     1     1
  7.0328018970148110E-01 a      1058     0    45     1     2
  2.9023460681630406E+00 a      1059     0    45     1     3
 -2.3331826868815879E+00 a      1060     0    45     1     4
  6.3313801473044418E-01 a      1061     0    45     1     5
  1.6520147027851786E+00 a      1062     0    45     1     6
 -4.6452088605382400E+00 a      1063     0    45     1     7
 -2.0339528447053598E-01 a      1064     0    45     1     8
  9.2571478929965623E-01 a      1065     0    45     1     9
  8.5055643026222894E-01 a      1066     0    45     1    10
 -2.9770255306671474E+00 a      1067     0    45     1    11
 -4.5898239008041863E-01 a      1068     0    45     1    12
 -8.8041124341035215E-01 a      1069     0    45     1    13
  4.6970760476781120E-01 a      1070     0    45     1    14
  5.1839690283821156E+00 a      1071     0    45     1    15
  4.9162160401487459E-01 a      1072     0    45     1    16
  5.3959172295783409E-01 a      1073     0    45     1    17
  2.3849203546799749E+00 a      1074     0    45     1    18
  4.0948292008308940E+00 a      1075     0    45     1    19
 -3.4329109117732490E+00 a      1076     0    45     1    20
 -1.4657552932246545E+00 a      1077     0    45     1    21
 -3.1328315059556228E-01 a      1078     0    45     1    22
 -3.1115239191670008E+00 a      1079     0    45     1    23
 -3.5046658700031469E-01 a      1080     0    45     1    24
  2.7121847303378801E+00 a      1081     0    46     1     1
  1.1671905265913198E+00 a      1082     0    46     1     2
 -2.7417881077088517E+00 a      1083     0    46     1     3
 -8.6227145733880273E-01 a      1084     0    46     1     4
  7.5525101111056414E-01 a      1085     0    46     1     5
 -1.0508300675036724E+00 a      1086     0    46     1     6
 -4.9505030869412199E+00 a      1087     0    46     1     7
 -1.4421125549617506E+00 a      1088     0    46     1     8
 -3.5199444337071739E+00 a      1089     0    46     1     9
  7.5843848714404349E-01 a      1090     0    46     1    10
 -1.0851792487960945E+00 a      1091     0    46     1    11
 -5.8202327829119422E+00 a      1092     0    46     1    12
  2.5392973479340832E+00 a      1093     0    46     1    13
 -5.2796790584007276E+00 a      1094     0    46     1    14
  6.1315152021603314E+00 a      1095     0    46     1    15
 -6.2256847316060138E-01 a      1096     0    46     1    16
 -2.7701909318997170E-01 a      1097     0    46     1    17
 -2.1773977761146672E+00 a      1098     0    46     1    18
 -4.1779122396401398E+00 a      1099     0    46     1    19
 -2.9604125067528719E+00 a      1100     0    46     1    20
 -5.3518353399173897E+00 a      1101     0    46     1    21
 -5.0932157628204138E+00 a      1102     0    46     1    22
 -2.6715603945028801E+00 a      1103     0    46     1    23
  2.5460401824678525E+00 a      1104     0    46     1    24
  1.9855813220348300E+00 a      1105     0    47     1     1
  2.3305399421482607E+00 a      1106     0    47     1     2
 -1.0114356742964070E+01 a      1107     0    47     1     3
  2.3139396360880458E+00 a      1108     0    47     1     4
  1.3261723703897282E+01 a      1109     0    47     1     5
  2.1221298625479137E+00 a      1110     0    47     1     6
  1.4017514491111711E+00 a      1111     0    47     1     7
 -9.9124677466356914E+00 a      1112     0    47     1     8
 -5.7920111911791476E+00 a      1113     0    47     1     9
  2.4814207896705667E+00 a      1114     0    47     1    10
 -6.0956595403648937E+00 a      1115     0    47     1    11
  3.2902560384355883E+00 a      1116     0    47     1    12
  3.7249498553556575E+00 a      1117     0    47     1    13
  1.0404033842614577E-01 a      1118     0    47     1    14
  6.4447489154616013E+00 a      1119     0    47     1    15
  1.0133499397797596E+01 a      1120     0    47     1    16
  1.0891464556287993E+00 a      1121     0    47     1    17
  4.2563819548690702E+00 a      1122     0    47     1    18
  3.4066091146120110E+00 a      1123     0    47     1    19
  5.5479747497327638E+00 a      1124     0    47     1    20
 -4.0645517368758322E+00 a      1125     0    47     1    21
  5.4721372361191734E-02 a      1126     0    47     1    22
  4.0068101791547264E+00 a      1127     0    47     1    23
 -4.2357376885438516E+00 a      1128     0    47     1    24
 -3.2693607302088212E+00 a      1129     0    48     1     1
 -1.6333173015567892E-01 a      1130     0    48     1     2
 -8.1996830278436639E-01 a      1131     0    48     1     3
 -1.2035561510485573E-03 a      1132     0    48     1     4
  2.4357621211995442E+00 a      1133     0    48     1     5
  1.7123989301711671E+00 a      1134     0    48     1     6
 -1.0922200997839009E+00 a      1135     0    48     1     7
  3.4976920557100657E+00 a      1136     0    48     1     8
  1.6870806830700444E+00 a      1137     0    48     1     9
  4.8440423477036015E-01 a      1138     0    48     1    10
 -3.5913653553877860E+00 a      1139     0    48     1    11
  4.9022971997315207E-01 a      1140     0    48     1    12
 -5.2833136369911626E+00 a      1141     0    48     1    13
  1.2023024305575425E+00 a      1142     0    48     1    14
 -6.4213735605870004E-01 a      1143     0    48     1    15
  3.4406226507147704E+00 a      1144     0    48     1    16
 -1.0274216721299487E+00 a      1145     0    48     1    17
  3.8149773405403811E+00 a      1146     0    48     1    18
  4.3460322551463659E-01 a      1147     0    48     1    19
  4.4197436617323067E+00 a      1148     0    48     1    20
  3.9654649897465051E+00 a      1149     0    48     1    21
  2.2447900867534226E-01 a      1150     0    48     1    22
  1.7012387738361794E+00 a      1151     0    48     1    23
 -3.3820381789314822E+00 a      1152     0    48     1    24
  1.1970813805250948E+00 a      1153     0    49     1     1
 -2.5058313781107047E+00 a      1154     0    49     1     2
  7.7044177066881766E-03 a      1155     0    49     1     3
 -1.1361656402442903E+00 a      1156     0    49     1     4
 -2.5153004491919329E-01 a      1157     0    49     1     5
  1.7079455821562193E+00 a      1158     0    49     1     6
  4.4874815864991313E-01 a      1159     0    49     1     7
  1.4181469614332169E+00 a      1160     0    49     1     8
 -1.3827986015433968E+00 a      1161     0    49     1     9
  3.2406617618334621E-01 a      1162     0    49     1    10
  6.3739694427535198E-01 a      1163     0    49     1    11
 -3.0786389391891383E-01 a      1164     0    49     1    12
  9.2211040687989376E-01 a      1165     0    49     1    13
  6.2348310294301379E-02 a      1166     0    49     1    14
  2.0474172040907967E-01 a      1167     0    49     1    15
 -4.5257849811801382E-01 a      1168     0    49     1    16
  7.1005964001868427E-01 a      1169     0    49     1    17
 -1.0363855343326069E+00 a      1170     0    49     1    18
 -1.1052095138938911E+00 a      1171     0    49     1    19
 -1.9832587125368012E-01 a      1172     0    49     1    20
 -8.2795223525676631E-01 a      1173     0    49     1    21
  5.9594175788176251E-01 a      1174     0    49     1    22
  4.0633719311446792E-01 a      1175     0    49     1    23
  4.2537888972804450E-01 a      1176     0    49     1    24
 -8.2881950409016886E-02 a      1177     0    50     1     1
 -6.2548374593440903E-01 a      1178     0    50     1     2
 -4.4193948911204167E-01 a      1179     0    50     1     3
  7.9562129312499397E-02 a      1180     0    50     1     4
  1.6685515581784983E-02 a      1181     0    50     1     5
  1.9342359762565317E-01 a      1182     0    50     1     6
  2.3742628864389209E-01 a      1183     0    50     1     7
 -4.4268744541937086E-03 a      1184     0    50     1     8
  9.4540757955644789E-02 a      1185     0    50     1     9
 -1.3805092502789290E-01 a      1186     0    50     1    10
 -8.9476504755433095E-01 a      1187     0    50     1    11
 -2.0619775021118456E-01 a      1188     0    50     1    12
  3.3662169426551802E-01 a      1189     0    50     1    13
  2.4001156730967710E-01 a      1190     0    50     1    14
  6.3580089107687740E-02 a      1191     0    50     1    15
 -1.0761952896537335E+00 a      1192     0    50     1    16
 -2.5006044798042010E-01 a      1193     0    50     1    17
  6.0867768275585875E-04 a      1194     0    50     1    18
 -9.9373882280547421E-01 a      1195     0    50     1    19
 -3.6018164157488886E-01 a      1196     0    50     1    20
 -2.7037050804572971E-01 a      1197     0    50     1    21
 -3.1307543144784802E-02 a      1198     0    50     1    22
  1.6124947598354883E-01 a      1199     0    50     1    23
 -3.6893028107836501E-01 a      1200     0    50     1    24
 -4.4984396931641557E-01 a      1201     0    51     1     1
 -1.1068319587438935E+00 a      1202     0    51     1     2
 -5.0467905205824137E-01 a      1203     0    51     1     3
  5.5381167222238026E-01 a      1204     0    51     1     4
  3.3674402495897710E-01 a      1205     0    51     1     5
  7.6360623867500435E-02 a      1206     0    51     1     6
  4.0992172636574936E-01 a      1207     0    51     1     7
  2.6413302208675621E-01 a      1208     0    51     1     8
  2.1694044704515546E-02 a      1209     0    51     1     9
 -2.6257067869831707E-01 a      1210     0    51     1    10
 -5.7953392683034011E-01 a      1211     0    51     1    11
 -3.4679452225824864E-01 a      1212     0    51     1    12
 -3.6109577191193187E-01 a      1213     0    51     1    13
  6.2816488976103768E-01 a      1214     0    51     1    14
  9.0209244530847166E-01 a      1215     0    51     1    15
 -8.4026494935230900E-01 a      1216     0    51     1    16
 -7.6498192778621810E-01 a      1217     0    51     1    17
  3.3028466141976265E-01 a      1218     0    51     1    18
 -1.5545622018683443E+00 a      1219     0    51     1    19
  5.8024839069542300E-01 a      1220     0    51     1    20
 -4.6004090174708323E-01 a      1221     0    51     1    21
 -5.9439263435335077E-01 a      1222     0    51     1    22
  8.4657823605506133E-01 a      1223     0    51     1    23
 -4.6264033549013234E-01 a      1224     0    51     1    24
  3.4299592662694811E-03 a      1225     0    52     1     1
  2.2833564533284889E+00 a      1226     0    52     1     2
 -7.3672702850124061E-02 a      1227     0    52     1     3
 -6.8058926018627897E-01 a      1228     0    52     1     4
  5.8591111293676901E-01 a      1229     0    52     1     5
 -1.5999170558454914E+00 a      1230     0    52     1     6
  9.8893611928298342E-01 a      1231     0    52     1     7
 -4.6351062496132451E+00 a      1232     0    52     1     8
 -9.3080512511916547E-01 a      1233     0    52     1     9
  5.0039237967718442E-01 a      1234     0    52     1    10
  1.0961147873710747E-01 a      1235     0    52     1    11
  2.4752009987240946E+00 a      1236     0    52     1    12
  1.5938516948750798E+00 a      1237     0    52     1    13
 -6.3050493861214296E-01 a      1238     0    52     1    14
  1.3893690226595723E+00 a      1239     0    52     1    15
 -1.9663417997544099E+00 a      1240     0    52     1    16
 -8.6416250553747014E-03 a      1241     0    52     1    17
 -1.1341233627105338E+00 a      1242     0    52     1    18
  1.6224602479332177E+00 a      1243     0    52     1    19
 -1.3739631766647307E+00 a      1244     0    52     1    20
  1.9386512502541503E-01 a      1245     0    52     1    21
  3.1214576774026431E-01 a      1246     0    52     1    22
  6.5194067970690994E-01 a      1247     0    52     1    23
  1.6017968081467596E-01 a      1248     0    52     1    24
 -2.0238405537089359E+00 a      1249     0    53     1     1
  7.4638726446802233E+00 a      1250     0    53     1     2
 -7.0389314303067019E-01 a      1251     0    53     1     3
  5.7624709344534928E+00 a      1252     0    53     1     4
 -3.2083670939412681E-02 a      1253     0    53     1     5
 -6.2818492918361999E+00 a      1254     0    53     1     6
  5.0269203793361734E-03 a      1255     0    53     1     7
 -4.6110071699144575E+00 a      1256     0    53     1     8
  4.0829918577658573E+00 a      1257     0    53     1     9
 -4.1685502959865524E+00 a      1258     0    53     1    10
 -3.0906759332537934E+00 a      1259     0    53     1    11
  2.3378803073581249E+00 a      1260     0    53     1    12
 -1.2374841202464979E+00 a      1261     0    53     1    13
 -1.3594230473622895E-01 a      1262     0    53     1    14
  2.2404430240468007E-01 a      1263     0    53     1    15
  1.6778591528421454E+00 a      1264     0    53     1    16
 -1.2283839397608209E+00 a      1265     0    53     1    17
  2.4386998352367262E+00 a      1266     0    53     1    18
  3.0862936727059380E+00 a      1267     0    53     1    19
  4.7189834066458403E+00 a      1268     0    53     1    20
  2.9892408482973600E+00 a      1269     0    53     1    21
 -3.4658650236985800E+00 a      1270     0    53     1    22
 -8.5961786030577447E-01 a      1271     0    53     1    23
 -6.5921900379439147E-01 a      1272     0    53     1    24
 -2.9214929305589199E+00 a      1273     0    54     1     1
  5.6906175906635592E-01 a      1274     0    54     1     2
  6.4512040559717745E+00 a      1275     0    54     1     3
 -1.7150894060598543E+00 a      1276     0    54     1     4
 -3.5738145856275025E+00 a      1277     0    54     1     5
 -1.7114066294942556E+00 a      1278     0    54     1     6
 -2.2468785199414079E+00 a      1279     0    54     1     7
 -2.9136667097706487E-01 a      1280     0    54     1     8
  5.8805780728033030E-01 a      1281     0    54     1     9
  1.1899779302226812E+00 a      1282     0    54     1    10
  3.4477843388927241E+00 a      1283     0    54     1    11
  1.4574006885126816E+00 a      1284     0    54     1    12
  2.5015619523094856E-01 a      1285     0    54     1    13
 -4.0202380908040469E-01 a      1286     0    54     1    14
 -8.5148089237844165E+00 a      1287     0    54     1    15
  2.9221285202621692E+00 a      1288     0    54     1    16
 -4.3563353421150808E-01 a      1289     0    54     1    17
 -2.7495267635231230E-01 a      1290     0    54     1    18
  3.2389186457826629E+00 a      1291     0    54     1    19
 -6.6159880661526156E+00 a      1292     0    54     1    20
  1.0597950695059526E+00 a      1293     0    54     1    21
  3.8383574337822490E+00 a      1294     0    54     1    22
 -4.4020263776649129E+00 a      1295     0    54     1    23
 -1.7001843865537469E+00 a      1296     0    54     1    24
 -1.0550750446776520E+00 a      1297     0    55     1     1
 -4.2926549081703200E+00 a      1298     0    55     1     2
  3.3638476679480460E+00 a      1299     0    55     1     3
 -1.8520169345527195E+00 a      1300     0    55     1     4
  4.9643517179837922E+00 a      1301     0    55     1     5
  5.4141972017828870E+00 a      1302     0    55     1     6
  1.4271140853756095E+00 a      1303     0    55     1     7
  4.8279600318220481E+00 a      1304     0    55     1     8
 -8.0620117006251779E-01 a      1305     0    55     1     9
 -7.0683898042896998E-01 a      1306     0    55     1    10
 -1.8122330544774357E+00 a      1307     0    55     1    11
  2.5279668558782076E+00 a      1308     0    55     1    12
 -8.4828604451040168E-01 a      1309     0    55     1    13
  6.3241478335185279E+00 a      1310     0    55     1    14
  3.5109195664462453E-02 a      1311     0    55     1    15
 -2.9259292522185678E+00 a      1312     0    55     1    16
  7.7399935015364218E-01 a      1313     0    55     1    17
  4.3920330645702741E+00 a      1314     0    55     1    18
  4.6683341097616387E+00 a      1315     0    55     1    19
  6.1336872249851862E-02 a      1316     0    55     1    20
 -1.7996263912504036E+00 a      1317     0    55     1    21
  3.4083119417128382E+00 a      1318     0    55     1    22
 -4.4477715072957175E-01 a      1319     0    55     1    23
 -2.9492213198371635E+00 a      1320     0    55     1    24
  5.8350648205599596E+00 a      1321     0    56     1     1
 -5.0926713630219096E+00 a      1322     0    56     1     2
  5.1063129852877038E+00 a      1323     0    56     1     3
 -4.1023557379616417E-02 a      1324     0    56     1     4
 -6.6733501019938863E+00 a      1325     0    56     1     5
  3.4068365494792574E+00 a      1326     0    56     1     6
  2.0410000830954164E-01 a      1327     0    56     1     7
  1.6385350994053137E+01 a      1328     0    56     1     8
  2.1245452141679677E+00 a      1329     0    56     1     9
 -5.9132592895284635E+00 a      1330     0    56     1    10
  8.2016036081770203E+00 a      1331     0    56     1    11
 -3.5316859765548951E+00 a      1332     0    56     1    12
  3.1552087091401884E+00 a      1333     0    56     1    13
  3.0504155260947687E+00 a      1334     0    56     1    14
 -1.2751513908179599E+00 a      1335     0    56     1    15
 -6.1609853909540935E-01 a      1336     0    56     1    16
  1.2148372580637015E+00 a      1337     0    56     1    17
 -2.9613554324903322E+00 a      1338     0    56     1    18
  7.6043596036206570E-02 a      1339     0    56     1    19
  6.2445468157291281E-02 a      1340     0    56     1    20
 -3.2523237616449330E+00 a      1341     0    56     1    21
 -5.0328658285495320E-01 a      1342     0    56     1    22
 -3.1306915847306649E+00 a      1343     0    56     1    23
  5.9325956874427419E+00 a      1344     0    56     1    24
  9.6580783376582313E-01 a      1345     0    57     1     1
  3.3839064338096208E+00 a      1346     0    57     1     2
  1.7692523094443897E+00 a      1347     0    57     1     3
  3.4009660173149139E+00 a      1348     0    57     1     4
 -1.0688772503110957E+00 a      1349     0    57     1     5
 -6.7882728031160122E-01 a      1350     0    57     1     6
  3.4997475336827821E+00 a      1351     0    57     1     7
  2.3627675833209385E+00 a      1352     0    57     1     8
  2.2042394600015109E+00 a      1353     0    57     1     9
 -3.2507188387761805E+00 a      1354     0    57     1    10
 -8.8504979635527192E-01 a      1355     0    57     1    11
 -1.2938784748045216E+00 a      1356     0    57     1    12
 -3.6051958944198292E-01 a      1357     0    57     1    13
  2.1139165989011723E+00 a      1358     0    57     1    14
 -6.9481755837444386E+00 a      1359     0    57     1    15
  1.1849185570380081E+00 a      1360     0    57     1    16
 -4.3978074614558982E-01 a      1361     0    57     1    17
  8.5331531542726169E-01 a      1362     0    57     1    18
  4.7638405585986900E+00 a      1363     0    57     1    19
 -3.5684719612514182E+00 a      1364     0    57     1    20
 -9.0210073384311762E-01 a      1365     0    57     1    21
 -2.5773274882737169E+00 a      1366     0    57     1    22
 -3.2078472042280186E+00 a      1367     0    57     1    23
  3.4548901449085662E-01 a      1368     0    57     1    24
  1.5338441857834897E+00 a      1369     0    58     1     1
  1.7793032388035304E-01 a      1370     0    58     1     2
 -9.7099622669629446E-02 a      1371     0    58     1     3
  2.8698471875084510E+00 a      1372     0    58     1     4
  2.0891215796838041E+00 a      1373     0    58     1     5
  2.1822854360306465E-01 a      1374     0    58     1     6
  2.3038182302154691E+00 a      1375     0    58     1     7
  3.5200566607033403E+00 a      1376     0    58     1     8
  2.0260784323469623E+00 a      1377     0    58     1     9
 -3.7262694757320372E+00 a      1378     0    58     1    10
 -6.4109870361893129E-01 a      1379     0    58     1    11
 -5.6894896709752887E+00 a      1380     0    58     1    12
  2.2279192849598903E+00 a      1381     0    58     1    13
 -2.3161922250862386E+00 a      1382     0    58     1    14
 -1.9731234118437886E+00 a      1383     0    58     1    15
  1.6201078475154618E-01 a      1384     0    58     1    16
 -2.2948863442644853E+00 a      1385     0    58     1    17
  3.3161457804286467E+00 a      1386     0    58     1    18
  1.6956507005084971E+00 a      1387     0    58     1    19
 -1.1117054746340205E+00 a      1388     0    58     1    20
 -3.7669751275388479E+00 a      1389     0    58     1    21
 -5.9231013895431559E+00 a      1390     0    58     1    22
 -1.6913329491387380E-01 a      1391     0    58     1    23
 -2.0535845014146874E+00 a      1392     0    58     1    24
  4.3430851886145563E+00 a      1393     0    59     1     1
 -7.8002134525395217E+00 a      1394     0    59     1     2
  3.4897461404344421E+00 a      1395     0    59     1     3
  5.6599836208991527E-01 a      1396     0    59     1     4
 -6.8260064904332758E+00 a      1397     0    59     1     5
  1.9480453397493172E+00 a      1398     0    59     1     6
 -8.8607520237697845E-01 a      1399     0    59     1     7
  8.1271684705465912E+00 a      1400     0    59     1     8
  1.4353036403008514E+00 a      1401     0    59     1     9
 -1.6336492415370623E+00 a      1402     0    59     1    10
  7.7466488766302177E+00 a      1403     0    59     1    11
 -5.3236367078723612E+00 a      1404     0    59     1    12
  5.1930291265022008E+00 a      1405     0    59     1    13
  9.2977289226664328E-01 a      1406     0    59     1    14
 -1.6324079123446704E+00 a      1407     0    59     1    15
 -2.4748922758335383E+00 a      1408     0    59     1    16
  1.8760228829835408E+00 a      1409     0    59     1    17
 -5.0730646198723583E+00 a      1410     0    59     1    18
 -8.4885296053920409E-02 a      1411     0    59     1    19
 -2.2997880788844101E+00 a      1412     0    59     1    20
 -2.4786710188307262E+00 a      1413     0    59     1    21
 -3.3358573957423537E-01 a      1414     0    59     1    22
 -6.1869977079127836E-01 a      1415     0    59     1    23
  7.6312762980955560E+00 a      1416     0    59     1    24
 -4.0498264092057363E+00 a      1417     0    60     1     1
 -2.5476175976335611E+00 a      1418     0    60     1     2
 -2.4188233449786658E+00 a      1419     0    60     1     3
 -2.1176198600496683E+00 a      1420     0    60     1     4
  1.2563833198774810E+00 a      1421     0    60     1     5
 -2.1276413220959043E+00 a      1422     0    60     1     6
 -5.5832035955012813E+00 a      1423     0    60     1     7
 -7.8902620640161079E+00 a      1424     0    60     1     8
 -7.7604484586432476E-01 a      1425     0    60     1     9
  5.6812067776484909E+00 a      1426     0    60     1    10
 -1.5490333117515329E+00 a      1427     0    60     1    11
  2.2203610083773362E+00 a      1428     0    60     1    12
 -2.9570074905741089E-01 a      1429     0    60     1    13
 -5.3746220811309642E-01 a      1430     0    60     1    14
  7.3330362480591340E+00 a      1431     0    60     1    15
 -4.0324910769925948E+00 a      1432     0    60     1    16
 -2.2764144089134133E+00 a      1433     0    60     1    17
  2.8416722287507923E-01 a      1434     0    60     1    18
 -5.3705949345478672E+00 a      1435     0    60     1    19
  3.3103104791861835E+00 a      1436     0    60     1    20
  1.8474563566043418E+00 a      1437     0    60     1    21
  1.4570986642879087E+00 a      1438     0    60     1    22
  1.9091255473285518E+00 a      1439     0    60     1    23
 -1.1806879452058561E+00 a      1440     0    60     1    24
  5.1379782025428244E-01 a      1441     0    61     1     1
 -1.7523089894784263E+00 a      1442     0    61     1     2
  1.1514579571405677E-01 a      1443     0    61     1     3
  4.5629329561410657E-02 a      1444     0    61     1     4
 -1.6628366694103449E+00 a      1445     0    61     1     5
 -1.0510740267632892E+00 a      1446     0    61     1     6
 -6.5263695966892477E-01 a      1447     0    61     1     7
 -3.0432704793624978E+00 a      1448     0    61     1     8
  5.4668505238045850E-01 a      1449     0    61     1     9
  4.7392180656850197E-01 a      1450     0    61     1    10
 -4.1774192246099062E+00 a      1451     0    61     1    11
 -6.2973025175214214E-01 a      1452     0    61     1    12
  1.0838262495690856E+00 a      1453     0    61     1    13
  4.7000729611250602E-01 a      1454     0    61     1    14
 -8.7101048113149726E-01 a      1455     0    61     1    15
 -7.5903614671059554E+00 a      1456     0    61     1    16
 -6.9379394590513699E-01 a      1457     0    61     1    17
 -7.2177579160292560E-01 a      1458     0    61     1    18
 -1.2776539938132745E+00 a      1459     0    61     1    19
 -2.4824863774339865E+00 a      1460     0    61     1    20
  1.3948218742902715E-01 a      1461     0    61     1    21
  6.8555260481602931E-01 a      1462     0    61     1    22
 -6.9334007054730140E-01 a      1463     0    61     1    23
 -1.4280394666823402E+00 a      1464     0    61     1    24
 -4.0345494505051033E-01 a      1465     0    62     1     1
  6.9336132574756508E+00 a      1466     0    62     1     2
  8.5141351079218308E-01 a      1467     0    62     1     3
 -1.1715809648934874E+00 a      1468     0    62     1     4
 -5.2421090994905013E+00 a      1469     0    62     1     5
 -4.6207936028801591E+00 a      1470     0    62     1     6
  3.9678332211035436E+00 a      1471     0    62     1     7
 -6.3712488850501723E+00 a      1472     0    62     1     8
 -2.1273020192974648E+00 a      1473     0    62     1     9
 -1.0389114219085307E+00 a      1474     0    62     1    10
 -1.2959535686267352E+00 a      1475     0    62     1    11
  8.1324197184247673E+00 a      1476     0    62     1    12
 -3.9959072581411319E+00 a      1477     0    62     1    13
  9.4643482032863169E-01 a      1478     0    62     1    14
 -2.9148339523359046E+00 a      1479     0    62     1    15
 -4.6701026304342514E+00 a      1480     0    62     1    16
  1.5372814349394055E+00 a      1481     0    62     1    17
 -7.0107239053112718E+00 a      1482     0    62     1    18
 -5.1305078195288463E+00 a      1483     0    62     1    19
 -5.8411313389530770E+00 a      1484     0    62     1    20
  3.2047972941447638E+00 a      1485     0    62     1    21
  3.8711841444033230E+00 a      1486     0    62     1    22
 -9.1337894255612573E-01 a      1487     0    62     1    23
  1.1458398115714792E+00 a      1488     0    62     1    24
 -7.4137302471977176E+00 a      1489     0    63     1     1
  8.2930534967162171E+00 a      1490     0    63     1     2
  3.2645575851593964E+00 a      1491     0    63     1     3
 -2.6747651125950251E+00 a      1492     0    63     1     4
 -1.3696912848188345E+00 a      1493     0    63     1     5
 -5.2067768157494294E+00 a      1494     0    63     1     6
  7.0106325866657615E-01 a      1495     0    63     1     7
 -1.1465787592194049E+01 a      1496     0    63     1     8
  2.9455238205264944E+00 a      1497     0    63     1     9
  2.9148013963397728E+00 a      1498     0    63     1    10
 -6.4719763436602182E+00 a      1499     0    63     1    11
  2.8117194741948417E+00 a      1500     0    63     1    12
 -7.6587333029503863E+00 a      1501     0    63     1    13
 -4.8792474913988286E+00 a      1502     0    63     1    14
 -1.7393251009081185E+00 a      1503     0    63     1    15
 -1.1032421487927724E+01 a      1504     0    63     1    16
 -3.2446367799534173E+00 a      1505     0    63     1    17
  1.9612844379466394E+00 a      1506     0    63     1    18
 -4.8628503903497595E+00 a      1507     0    63     1    19
 -4.3182502372957483E+00 a      1508     0    63     1    20
  5.9234554322752677E+00 a      1509     0    63     1    21
 -4.9150499679133552E-01 a      1510     0    63     1    22
 -1.3983171049398875E+00 a      1511     0    63     1    23
 -5.4227639354205568E+00 a      1512     0    63     1    24
  6.4986623603325777E-01 a      1513     0    64     1     1
  4.0422835025567867E+00 a      1514     0    64     1     2
  3.7756367151308834E-01 a      1515     0    64     1     3
  1.1964276808626253E+00 a      1516     0    64     1     4
 -5.5589310419605056E+00 a      1517     0    64     1     5
 -3.2214865482482948E+00 a      1518     0    64     1     6
  2.2656332274508890E+00 a      1519     0    64     1     7
 -3.0499036769091865E+00 a      1520     0    64     1     8
  3.2913002485263312E+00 a      1521     0    64     1     9
 -8.7227814189260933E-01 a      1522     0    64     1    10
  2.1955908364598415E+00 a      1523     0    64     1    11
  1.7166070108972253E+00 a      1524     0    64     1    12
 -4.1379099494488686E-01 a      1525     0    64     1    13
 -3.1496850444034665E+00 a      1526     0    64     1    14
 -2.5178048392429391E+00 a      1527     0    64     1    15
  2.7157586626840060E+00 a      1528     0    64     1    16
 -1.0341617934341827E+00 a      1529     0    64     1    17
 -1.9555210498993876E+00 a      1530     0    64     1    18
 -2.7112088368279169E-01 a      1531     0    64     1    19
  1.5362834837988089E+00 a      1532     0    64     1    20
  4.7662989215391649E+00 a      1533     0    64     1    21
  2.1961009522093788E-01 a      1534     0    64     1    22
  7.5638985493470068E-01 a      1535     0    64     1    23
 -2.4308082857193947E-01 a      1536     0    64     1    24
  2.3229683776832052E-01 b      1537     1     1
  2.3710392785592457E-01 b      1538     1     2
  4.9205280072953034E-01 b      1539     1     3
  9.6099583269004321E-02 b      1540     1     4
  1.4759558788670432E-01 b      1541     1     5
  6.9958973842689592E-02 b      1542     1     6
  4.5781969848482312E-01 b      1543     1     7
  1.9187493594503760E-01 b      1544     1     8
  2.0752540349530313E-01 b      1545     1     9
  4.7401863921785631E-01 b      1546     1    10
  3.3586502547565755E-01 b      1547     1    11
 -3.5063477567917717E-01 b      1548     1    12
  2.5916551015453687E-01 b      1549     1    13
 -1.7344844585474650E-01 b      1550     1    14
  9.7151521846530281E-02 b      1551     1    15
 -6.0611493165879125E-02 b      1552     1    16
  1.3428488463390942E-01 b      1553     1    17
  2.4178384973782677E-01 b      1554     1    18
 -4.1572692205506240E-01 b      1555     1    19
  5.1741171526386631E-01 b      1556     1    20
  1.6199887311156200E-01 b      1557     1    21
  2.4083560526165454E-01 b      1558     1    22
  7.9112725539123907E-02 b      1559     1    23
  6.4513359696565542E-01 b      1560     1    24
 -5.1557745594876347E-01 a      1561     1     1     2     1
 -4.0647700437002421E-01 a      1562     1     1     2     2
 -3.1884326594278556E-01 a      1563     1     1     2     3
  3.8854010187939719E-01 a      1564     1     1     2     4
  2.6090261894851180E-01 a      1565     1     1     2     5
  1.9326363745407499E-01 a      1566     1     1     2     6
 -8.3266131819140810E-01 a      1567     1     1     2     7
  1.7310164470555095E-01 a      1568     1     1     2     8
  5.3789000871788928E-01 a      1569     1     1     2     9
 -2.2883576856217536E-01 a      1570     1     1     2    10
 -5.8832531164447455E-01 a      1571     1     1     2    11
  9.6969881032910621E-01 a      1572     1     1     2    12
  1.1197589061287405E+00 a      1573     1     1     2    13
 -1.0257678260272673E+00 a      1574     1     1     2    14
 -7.1048746093432813E-01 a      1575     1     1     2    15
 -6.0017750039399731E-01 a      1576     1     1     2    16
 -8.4745827490762871E-01 a      1577     1     1     2    17
 -4.7411276877860326E-01 a      1578     1     1     2    18
 -3.6565157280048899E-01 a      1579     1     1     2    19
 -1.7598388688286892E-01 a      1580     1     1     2    20
 -4.2062994483260674E-01 a      1581     1     1     2    21
  1.9881824965284356E-01 a      1582     1     1     2    22
 -4.2425254695699932E-01 a      1583     1     1     2    23
  2.9943252081742250E-01 a      1584     1     1     2    24
  1.2540439276646844E+00 a      1585     1     2     2     1
  6.8514625492554115E-01 a      1586     1     2     2     2
 -4.2283961485486737E-01 a      1587     1     2     2     3
  5.4748327119779105E-01 a      1588     1     2     2     4
  1.2376868273733184E+00 a      1589     1     2     2     5
 -2.2717924305603848E-01 a      1590     1     2     2     6
 -8.8266346346107916E-01 a      1591     1     2     2     7
  1.2953203796498185E+00 a      1592     1     2     2     8
 -8.3001565647685283E-01 a      1593     1     2     2     9
 -8.7639521938070708E-01 a      1594     1     2     2    10
  2.1063860749563342E-02 a      1595     1     2     2    11
 -7.7319360461173914E-01 a      1596     1     2     2    12
 -7.7900085140343100E-01 a      1597     1     2     2    13
 -9.8857057249142166E-01 a      1598     1     2     2    14
  2.4225064662098278E-01 a      1599     1     2     2    15
  2.6203297489141958E-01 a      1600     1     2     2    16
 -6.8029863857043915E-01 a      1601     1     2     2    17
  4.0787335769840194E-01 a      1602     1     2     2    18
 -3.6136170719384186E-01 a      1603     1     2     2    19
 -6.0790171104385482E-01 a      1604     1     2     2    20
  8.6970970737824971E-01 a      1605     1     2     2    21
  9.8983547705020791E-01 a      1606     1     2     2    22
 -4.1326711084598805E-01 a      1607     1     2     2    23
  6.0741594564615520E-01 a      1608     1     2     2    24
 -3.3146295607031390E-01 a      1609     1     3     2     1
  1.1640543814498319E+00 a      1610     1     3     2     2
 -9.1554192472349485E-02 a      1611     1     3     2     3
  8.4951868718287105E-01 a      1612     1     3     2     4
 -7.4349773758305898E-02 a      1613     1     3     2     5
  2.4676141129982518E-01 a      1614     1     3     2     6
 -1.5591447716406235E+00 a      1615     1     3     2     7
 -6.9290690175645020E-01 a      1616     1     3     2     8
  2.1936931664906931E-01 a      1617     1     3     2     9
  7.0862923991863913E-01 a      1618     1     3     2    10
 -1.2318259875646163E+00 a      1619     1     3     2    11
  1.1847517954135299E-01 a      1620     1     3     2    12
  7.8436274870342396E-02 a      1621     1     3     2    13
  6.6401988782809285E-01 a      1622     1     3     2    14
  2.4579256295899718E-01 a      1623     1     3     2    15
  2.2515072662463995E-01 a      1624     1     3     2    16
 -9.9859394496248866E-02 a      1625     1     3     2    17
 -1.3441007878208941E+00 a      1626     1     3     2    18
  1.2946539119772691E+00 a      1627     1     3     2    19
