     -0.3376215173
     -0.1621740604
     -0.0972671379
      0.2292110253
     -0.0609171267
     -0.1398057215
      0.3178403212
      0.2964473257
     -0.1827666304
     -0.1578480717
     -0.1290506270
     -0.1452046784
      0.0269181716
     -0.0320994947
     -0.1145882578
      0.1139697853
     -0.0739833778
      0.1222068828
      0.3116739898
     -0.0064867317
      0.3905280213
      0.1908981466
     -0.0968823391
      0.0510867200
     -0.0149134986
      0.2890058263
     -0.3966596879
     -0.0025389294
     -0.2468567653
     -0.1302396716
     -0.1900719382
     -0.1773125388
     -0.1157755471
     -0.1509221045
     -0.0019550947
      0.1237763870
      0.3629503117
      0.1912655359
     -0.0271133786
      0.2975359441
     -0.0564772230
     -0.2641751535
      0.6139309980
     -0.2087405581
     -0.2058614777
     -0.2479228409
      0.4192379207
      0.5596272449
      0.2507787749
      0.0008976872
     -0.2558233511
     -0.2836763217
      0.2210093712
     -0.3674528755
      0.3900570307
     -0.2195403781
      0.2614792221
      0.3634434599
     -0.4688192877
     -0.4228706762
      0.9674078798
      0.0836844053
      0.2214935875
     -0.0259003988
     -0.0753173964
     -0.3044459724
     -0.0282281475
     -0.3946421320
      0.4710077457
      0.4851891142
     -0.8982004024
     -0.1611520951
     -0.3125153062
     -0.2508637764
     -0.3349411703
      0.1594973706
      0.0922264615
     -0.0268252678
      0.5960175076
      0.2288744593
     -0.0251643800
     -0.3238822494
     -0.3800157201
     -0.5576438951
     -1.0840338663
      0.3087712070
     -0.3019040014
     -0.1349217889
     -0.0119241187
      0.1941449788
      0.0139687215
     -0.1084808823
     -0.0988365983
      0.1959333015
      0.7359644522
      0.1255350440
      0.1688261865
      0.2372885817
     -0.0657761628
     -0.1237518862
     -0.0296447468
     -0.3677818816
      0.1411073732
     -0.4055277040
      0.0202935861
     -0.2491445105
      0.2504337636
     -0.6036415713
     -0.4390079537
      0.2285651209
     -0.1350774079
     -0.1912241276
     -0.1130461771
      0.1860090772
      0.3234390837
     -0.7452913363
      0.2668663104
     -0.0815103129
      0.3577669454
      0.4341076794
     -0.0389509132
      0.0655230130
      0.2943166446
     -0.1651585287
     -0.2810675331
      0.0330157168
      0.0145716789
      0.1543852233
      0.1543814206
      0.0010073579
     -0.2218582198
     -0.4448337473
     -1.6245805005
      0.1275345907
      0.1100625861
     -0.2792063557
     -0.1677174804
     -0.1856803667
     -0.4260436086
     -0.7400082651
      0.3264662270
     -0.2456314245
      0.5783557865
     -0.5038917213
      0.4224061805
      0.1891168474
      0.3460463675
      0.1908594120
      0.0495461588
      0.0850357475
     -0.0148604547
     -0.4796109464
     -0.0768760795
     -0.2116403385
     -0.5572326486
     -1.3835065462
     -3.5397763189
      0.1024813852
     -0.1092509191
      0.4199006486
     -0.1448399058
      0.0895914667
     -0.0168862091
     -0.8636251117
      0.3713853017
     -0.1363174742
      1.9886890993
     -0.4992101223
      0.1227670311
     -0.2102144953
     -0.0109187445
      0.1498401791
     -0.2474607919
     -0.2331428665
     -0.0286749486
     -0.3113891244
      0.2267790384
      0.1375610202
     -0.3235828512
     -1.3786556090
     -3.3986047570
     -0.2574040579
      0.1440009331
     -0.2364410026
     -0.1757402666
     -0.1779917347
     -0.5486886349
     -1.5806849061
      0.7271569561
     -0.2216309524
      0.5715659245
     -0.8927023989
     -0.1771116635
     -0.3903713710
      0.2602440407
      0.4578184226
     -0.1976686495
     -0.0334724292
      0.1622593357
      0.0579481167
      0.2415939305
     -0.5854746108
      0.0816969965
     -0.2817411961
     -0.1142017595
      0.0850905546
      0.2218175918
     -0.1252973752
     -0.0940733577
      0.1284757636
      0.2185060682
      0.1938044545
      0.0189445793
     -0.0476653248
     -0.0058714412
      0.4167462182
     -0.3233283503
      0.1658652156
     -0.0192436819
      0.3058600141
      0.3151467378
      0.1580189807
      0.3270627111
      0.1291117113
     -0.2300641168
     -0.1966345682
      0.0477155682
     -0.1975680091
      0.8694177193
      0.1981937268
      0.1085077499
      0.2981732234
      0.4325322470
      0.0376392609
      0.2816237158
      0.3812825580
     -0.5040161132
      0.2448100108
      0.0454097522
      0.4188876146
      0.3669070399
     -0.1853891196
      0.1393482192
      0.1090711884
      0.0816256976
      0.1631526637
     -0.3404408208
      0.2696819218
     -0.2147693008
      0.0517491546
      0.2669633629
     -0.2036763821
      0.4519438182
     -0.3091556116
      0.0170872455
      0.2752270623
      0.0311724432
     -0.2283510135
      0.3430402478
     -0.3054391133
     -0.0320749331
      0.3562769294
     -0.0153311736
      0.1301227441
     -0.0935982670
      0.0940703840
      0.0459494513
     -0.2232296333
      0.1439187946
      0.3996602220
      0.1349955635
      0.0356673806
     -0.0152558955
      0.0812101225
      0.0274187020
      0.0472612196
     -0.5385369807
      0.1459461317
      0.2059167124
      0.0336469779
     -0.2400212060
      0.2541110562
      0.0358688797
     -0.0372526194
      0.1099272852
     -0.0635549458
      0.5144025629
      0.0853620679
     -0.0816245620
      0.0386762682
      0.0004128653
     -0.3593358835
      0.0246252641
     -0.3034837306
     -0.5793572897
     -0.2696935573
      0.2563801862
      0.0579454815
     -0.2623891074
      0.1251146867
      1.1149733052
     -0.3773277988
      0.1786927259
     -0.0011899191
     -0.1772420647
     -0.1114447515
      0.2731931392
      0.0531797132
     -0.1327455564
     -0.0486067888
     -0.2910190554
      0.4027780398
      0.0112011971
     -0.0103878642
     -0.0194196697
     -0.0921444960
      0.2427361796
      0.1651776078
      0.1601938397
     -0.2729320424
     -0.1336142086
     -0.0228595344
     -0.0967638722
      0.3286639120
      0.1337275765
      0.2221611915
      0.3418511128
     -0.0789476804
      0.0161550310
      0.1634939091
      0.2853464080
     -0.1615504007
      0.3450553354
      0.1686976998
     -0.0800805604
      0.2429591128
     -0.0117866971
     -0.0026557312
     -0.3224383569
      0.1809391027
      0.3107516067
      0.1961475450
      0.0381717412
      0.0556095870
     -0.2893367105
      0.1704621886
      0.0535234392
      0.1968210787
      0.2202855045
     -0.1759407780
      0.0985919141
      0.2896236733
      0.2985044623
      0.1387534905
      0.1540989009
      0.2226397340
      0.0071480986
      0.2268679359
     -0.2397338697
     -0.0322497337
     -0.0669823386
     -0.0820809933
     -0.0454683453
     -0.2941618769
      0.2729576025
      0.0618488539
      0.3064709885
      0.0662284234
     -0.1129061907
      0.2222163892
     -0.2190479784
      0.0635125776
      0.5951003292
      0.1122841813
      0.2642784709
     -0.0049208301
     -0.1561592794
     -0.2690061733
     -0.0586933828
      0.4095113240
      0.2822132478
      0.2012365194
     -0.0255567478
     -0.3359046275
      0.5602412221
      0.0863933847
      0.3070021536
     -0.2775750934
      0.1994420000
      0.2379717555
      0.1590204189
      0.3062038837
      0.1492234958
     -0.0155281848
      0.2320046603
      0.5153183429
     -0.0604495040
     -0.0485402913
      0.2366612922
      0.2814223068
     -0.0441935080
     -0.1060888476
      0.4140300507
     -0.1448572344
     -0.1457640259
      0.0572406167
     -0.4493537556
      0.1061157120
      0.1772180757
     -0.1631711797
      0.0694395882
     -0.0180512035
      0.0929021227
     -0.0857716329
      0.2040270942
     -0.1680816109
      0.1920774697
     -0.0206616096
     -0.1535694911
     -0.1611006964
      0.2096484579
     -0.2167261219
     -0.4645897221
     -0.2281756068
     -0.4617700548
      0.2236128801
      0.2225139526
     -0.1739338903
     -0.0440999453
      0.0711476064
      0.0757570844
      0.0125523531
     -0.2984534052
      0.0527558548
     -0.4746103437
      0.4591109246
      0.2724545956
      0.0994749851
     -0.3694289182
     -0.1065167617
     -0.3106577306
     -0.4951758563
     -0.1636342397
      0.1486007818
      0.2461550313
      0.1659794966
      0.6183542900
      0.2742397370
     -0.2951509571
     -0.3945157327
      0.3636430537
      0.1106231108
      0.3279142559
     -0.1034934080
     -0.1394215976
     -0.0839662802
      0.1035065994
      0.0776559001
      0.5211381428
      0.0761722157
      0.0407509059
      0.3252123443
      0.1764238340
      0.1309647536
     -0.3312947642
     -0.3662308831
      0.0814692119
     -0.3139416596
     -0.6414753061
     -0.2851852983
     -0.0508947387
      0.7083558991
      0.2896225610
      0.2155711719
     -0.3737566578
      0.0591579641
     -0.1978384683
      0.3236446012
     -0.0842723758
     -0.3625948510
      0.1276659158
      0.3802966978
      0.1698546711
      0.0514746593
      0.2115763208
      0.0407755121
      0.1224592749
      0.2822782719
     -0.4312241562
      0.2672664741
      0.3485595161
     -0.1398380115
     -0.2476344228
     -0.4310843018
     -0.3192225719
      0.0131960995
      0.1459727290
      0.1982299574
      0.3140128125
      0.2930629237
     -0.3218634118
     -0.1020696996
      0.4983118079
      0.2518473709
     -0.1498458117
      0.5827397811
     -0.1333597610
      0.1413340240
      0.1669522446
     -0.3105312776
     -0.1592755624
     -0.0778956882
     -0.1156511264
      0.2902958575
     -0.0690932101
      0.2341579408
     -0.5850219453
      0.1399851021
      0.0304390132
     -0.3072320048
     -0.2576631091
     -0.2012125062
      0.1359125511
      0.1577379698
      0.1904130645
      0.0046805977
     -0.1302216841
     -0.2875666252
     -0.0767036153
      0.0357709362
      0.1061098499
      0.0570282475
     -0.0458834693
      0.0882202504
      0.0690116007
     -0.1964068607
     -0.0024989913
     -0.2482547052
     -0.0513414069
      0.0740216128
      0.5171605123
     -0.3453506498
     -0.0748778844
      0.3688513635
     -0.2076592326
      0.0851459427
      0.1429255424
     -0.0340727604
      0.1163280916
     -0.3883206518
     -0.1747690212
      0.1694500526
      0.4592377254
      0.1194681890
     -0.0817184075
     -0.2020927866
     -0.2426235855
      0.2801415622
      0.5084376574
     -0.1276077346
      0.1476294328
      0.4008165243
      0.2092036609
     -0.1204621964
      0.0057140903
     -0.1687126852
     -0.1133815306
     -0.2470948397
      0.0318048048
      0.3459985574
      0.1976083822
      0.2521288840
      0.3375132713
      0.0687198434
     -0.1878026057
     -0.4017151740
      0.3000406362
      0.1272508374
     -0.4309201555
     -0.0272105078
     -0.0128393799
      0.3524433288
      0.0984192828
     -0.0985817973
     -0.3468854324
     -0.0334426554
     -0.5087522984
      0.0628737059
      0.3960061244
      0.1820716156
      0.2074152807
     -0.1045392991
     -0.1855384361
     -0.3330064114
      0.2836344863
      0.1381431671
      0.1787942461
      0.0229571372
      0.5136769359
     -0.0223284865
      0.2250438243
     -0.1259937185
      0.1226235701
      0.0038494421
     -0.1154422836
     -0.2260509690
     -0.2651157809
      0.0061691252
     -0.0222740764
     -0.0146678616
      0.4696205159
      0.2920378488
      0.1442716341
      0.0470285273
      0.1655709143
      0.1157977315
     -0.0320833926
     -0.0631133641
     -0.4559466434
     -0.0841583097
     -0.2241524870
      0.2917153966
     -0.0470015660
      0.3081153297
     -0.0362344867
      0.1010455203
      0.3824605103
      0.0831066155
      0.1869211098
      0.1514663163
      0.2618263358
      0.1235633068
     -0.0119065707
      0.3964246286
     -0.0794107788
     -0.2961583657
      0.2368786898
     -0.1352687126
      0.0289046734
     -0.0013536982
      0.3415535302
      0.1006788042
      0.7484540604
      0.3043370929
      0.1343347133
     -0.2099070902
      0.3221942777
      0.2431241455
      0.0389094062
     -0.0015968020
     -0.2140953937
      0.3469307021
     -0.1764575121
      0.2142822992
     -0.1635290226
      0.0581047202
     -0.3396191493
     -0.2825858806
     -0.1764341556
      0.1768176434
     -0.0058751069
     -0.1781851654
      0.0758491744
      0.0272574120
     -0.2549002250
     -0.5409368849
      0.0932753731
     -0.2195513391
      0.0841948090
      0.3218465486
     -0.0688571999
     -0.2020583513
     -0.3396581245
     -0.0187253054
      0.0246650800
      0.0645310491
      0.0149372835
      0.0286339218
      0.1757741016
     -0.6127234459
      0.1496071164
     -0.1182968318
     -0.0469355865
     -0.0760086192
      0.1126556751
      0.0540813587
      0.0122594234
      0.3817235012
     -0.5730589045
     -0.0147791062
      0.3333501871
     -0.1451534551
     -0.0259690300
      0.1969150414
      0.0610789791
     -0.1792857183
      0.4018295504
     -0.0572428825
      0.0076187063
      0.0164341499
     -0.1129511401
     -0.1352575426
      0.2235212004
      0.0414545936
      0.1388993394
     -0.1527361086
     -0.3499225063
      0.3970440089
      0.1594039185
      0.2589399824
      0.2282517112
     -0.2719201140
     -0.2171025599
      0.0749330612
     -0.4204765365
     -0.3438635786
     -0.0695676893
     -0.0186395525
     -0.6300862000
     -0.6550119395
     -0.2464651304
      0.3701921977
     -0.2969088157
     -0.1480585969
      0.2507366857
     -0.1725517186
     -0.0088924246
      0.2362070744
     -0.0507412842
     -0.0760294757
     -0.3437558346
      0.1050282380
     -0.7126557210
      0.3178743791
      0.6679913112
     -0.2268540659
     -0.1006090028
     -0.2111120086
     -0.2646657021
     -0.2213656181
      0.2491386730
      0.0181243611
      0.2632494233
      0.0185400693
     -0.0015809097
      0.0126062461
      0.0851292814
      0.2679952555
      0.1898411150
     -0.0367989087
     -0.0283711290
     -0.0461697809
     -0.0962660868
      0.3447773808
     -0.4945347558
      0.2625759194
     -0.1545691455
      0.0141336801
     -0.4457050723
      0.1430970886
      0.2329683356
      0.1912413603
     -0.0660378577
     -0.2772739407
      0.2186685507
      0.1152646909
     -0.2906137013
     -0.5308336565
     -0.1191875094
     -0.0502938941
      0.1098314368
      0.1300021373
      0.2084410093
      0.0607859265
     -0.2326537960
     -0.2339044665
      0.2181308692
     -0.2433650149
      0.2784330726
      0.1738149164
      0.1258453535
     -0.3550011238
     -0.2656752756
     -0.0977215661
      0.0264035646
     -0.1887042487
      0.1336408936
      0.1898492505
      0.0791800343
     -0.1581772928
     -0.0941527013
      0.0015214675
     -0.2854074615
      0.1157965717
     -0.0152998723
     -0.1439515536
      0.1241034714
     -0.1909709033
      0.2797230843
     -0.1190798698
     -0.1370293261
      0.0645100330
      0.0668570821
      0.2571760152
     -0.0711509273
      0.1053855677
     -0.1958564731
      0.0746455969
      0.2696582983
     -0.1789964000
     -0.0655533570
      0.0976614301
      0.1021764994
      0.0477305045
     -0.1060588383
      0.1211919863
      0.1112597529
      0.1984698483
      0.3009235259
      0.1944444865
      0.2606260481
     -0.0597893584
      0.1242978508
      0.0692269243
     -0.0869986427
      0.0346523215
      0.2074629988
     -0.1376497225
      0.3493712264
     -0.0704825279
      0.1631049315
      0.1815992744
     -0.2393727734
     -0.1670052032
      0.0216035160
      0.2839867201
     -0.3423011702
     -0.3117407656
     -0.2395726330
     -0.0763910926
     -0.2449433076
      0.2347185580
      0.2513556274
      0.0024609542
     -0.0010674225
      0.3093455141
      0.1703900571
      0.2973264075
     -0.0899471611
     -0.2281173298
      0.1348961796
     -0.2879681839
     -0.2558681083
     -0.1464372641
      0.2960192865
     -0.2657749855
      0.1725554021
      0.0974404481
      0.0675209009
      0.2836150529
      0.1685954232
      0.0596552682
      0.1631963427
      0.2298449751
      0.0196464305
      0.2171120073
     -0.2376344093
      0.0230568139
     -0.1948174783
     -0.2693553353
     -0.1023706623
     -0.2444853220
      0.2082255033
     -0.0062094569
     -0.1093168636
     -0.2248218081
      0.0540698941
      0.1241436387
     -0.2664808689
     -0.2162881523
     -0.3087498501
      0.2642688746
     -0.0870256354
     -0.1799934003
      0.3332791210
      0.2291729425
     -0.2299346815
     -0.2933014561
      0.2960677893
     -0.3017943164
      0.1635106423
     -0.2099062607
      0.0196060680
      0.0665185811
     -0.2692436154
     -0.1557473383
      0.2256138536
     -0.2394278568
     -0.1139661344
     -0.2823839896
      0.3866175473
      0.1628663709
      0.1555854253
     -0.2000155068
     -0.0486603747
      0.2630861243
     -0.1469092620
     -0.1977942510
     -0.1518006308
      0.2739318776
      0.1249936099
      0.0638069189
     -0.2021123088
     -0.1831726345
     -0.2926787627
      0.2307971892
     -0.1643456893
      0.1931945422
      0.2036783451
      0.2127943280
      0.0283187520
      0.0603002785
      0.1395001726
      0.0058791860
      0.2724030462
      0.1271506708
     -0.1310862975
     -0.1948342007
     -0.2510187151
     -0.1050391620
     -0.1342768051
     -0.0412816406
     -0.3367881694
     -0.0123774038
     -0.0852866200
     -0.2286687811
      0.1244354916
      0.1601237314
      0.0365721747
      0.2069651362
      0.2613527470
     -0.1231594916
     -0.0893209748
      0.2169434161
     -0.2230696594
      0.1412472948
      0.1158872799
      0.2543526902
     -0.4126471066
     -0.2454772092
     -0.0402496497
     -0.1073215588
      0.1702582930
     -0.2524855063
     -0.2557587647
     -0.1071379000
      0.2140315803
     -0.0150281063
      0.2441274845
     -0.0838240108
      0.2589042958
      0.1065286429
      0.1376588625
      0.2396513224
     -0.0823366781
     -0.2670367037
     -0.0237817513
     -0.0880075450
     -0.2238455554
      0.2438965312
      0.1669150848
      0.1490152074
      0.2122526038
      0.3335676500
     -0.0387924582
     -0.1865653843
     -0.1211398223
      0.0636079471
      0.1408682319
     -0.1206771984
     -0.0204168064
     -0.2831609567
     -0.2861165424
      0.0640679309
     -0.0237356931
     -0.1108379856
     -0.0039237512
     -0.0201078828
     -0.2869752890
     -0.2771908040
     -0.1535470830
     -0.1181218670
     -0.0776400053
     -0.2460494581
     -0.2988463442
     -0.0565710674
     -0.1408091796
      0.0472682263
      0.2742214089
     -0.2559776180
     -0.0754897837
     -0.0822660070
      0.1505489292
     -0.0192719879
     -0.1434923533
     -0.3320741178
     -0.0629610058
     -0.1217427121
      0.2555313565
      0.1094975625
      0.2446269674
      0.1114804072
      0.1074106639
     -0.2029627905
      0.1688363289
     -0.0315655854
     -0.0496251490
      0.3308208988
     -0.2150823808
     -0.1974907839
      0.0408007702
      0.2307684028
      0.0172599839
     -0.0916999352
     -0.1431018813
     -0.2203758384
     -0.0940048587
     -0.0161138552
      0.0752127165
     -0.1999908357
     -0.2906869179
     -0.1943709121
     -0.1477412326
     -0.2110924766
     -0.0438598368
      0.0478164493
      0.1890128274
     -0.0813035581
      0.2104156556
     -0.3185971224
     -0.1560766628
      0.1902463885
      0.1678067221
      0.1560104031
      0.0093052398
     -0.3351041905
     -0.1368617486
     -0.2235353615
     -0.2526651082
      0.0537808169
      0.2355316628
     -0.1544203566
     -0.3263036872
      0.3243758004
      0.0960612787
     -0.1582575391
      0.1746223869
     -0.2754214497
     -0.1192494179
      0.2937104263
      0.1943713731
     -0.0772715124
      0.2389874620
      0.0160082084
     -0.3084908392
     -0.1054108776
      0.0218701364
      0.1038318681
      0.0331168813
      0.0169114707
      0.0139152621
     -0.1060561419
     -0.2925430777
     -0.1566282614
      0.0953286223
      0.1445701809
     -0.1383851359
     -0.0655681074
     -0.0868474828
      0.0468111124
     -0.1572149094
     -0.0831699397
      0.2058519138
      0.2316568447
      0.0353864827
      0.1403180395
      0.1443321340
      0.2010595623
      0.2958551091
      0.1733089298
      0.1297148138
      0.2748218109
     -0.0760006462
     -0.1055124803
      0.1810373624
     -0.1840368063
     -0.1654433205
      0.1677990049
     -0.2221191201
      0.2300693244
     -0.0387760949
     -0.2105336511
      0.3631477410
      0.3123068860
      0.0939425270
      0.0724559142
      0.0920090024
      0.1889200767
     -0.2282868695
     -0.1591129931
     -0.2792611684
     -0.0357973200
     -0.3110203801
     -0.0421977577
     -0.2026066145
      0.2798383636
     -0.3706305045
     -0.1276078644
     -0.2072364145
      0.2786880947
      0.1050918460
     -0.1445170534
      0.0057822762
      0.1543247326
     -0.5631439313
     -0.2611606413
      0.0847845658
      0.1966556893
     -0.1286506360
     -0.1226553491
      0.1592931953
      0.1019505694
      0.2112855249
      0.1671326306
      0.1217754395
     -0.5019576935
      0.0612272309
     -0.0659395061
      0.1985091509
      0.4146449131
     -0.5489200115
      0.2761373000
      0.3234334920
      0.0253094486
      0.0834207070
      0.1061240794
      0.0048035271
      0.1292394493
     -0.0334607989
     -0.0575064173
     -0.1025698683
     -0.0537855203
      0.2891490111
     -0.3087741431
     -0.0459567806
      0.0573722381
     -0.2589129095
      0.1092903144
     -0.2247168451
      0.2113492909
     -0.2813331591
     -0.0321280647
     -0.0897606884
      0.1194259174
     -0.0169304572
     -0.0480976647
      0.1509233313
      0.0318024216
      0.0544984849
     -0.2606603808
      0.0262153123
     -0.1409872880
      0.0152006001
      0.2011159675
     -0.0515852344
     -0.0547016704
     -0.0530896514
     -0.1563011597
     -0.2514417130
      0.0255535133
     -0.0385686244
     -0.0826112919
     -0.1611642570
      0.2996039039
     -0.1343010966
      0.1421227106
     -0.1465296403
     -0.2331267954
      0.2201051423
     -0.0452734939
      0.2558142536
     -0.2333118753
     -0.1696195130
      0.1066341410
     -0.2166771809
     -0.1316152133
     -0.0649311048
     -0.2877596384
     -0.0966434143
      0.1805083032
     -0.1268898815
      0.2965416010
     -0.3105001994
     -0.2746061431
     -0.2684910859
     -0.0433402627
      0.0738630086
     -0.0675978563
      0.0255211892
      0.2167687802
      0.0813102037
     -0.0498476737
     -0.2590924094
      0.0721077916
      0.1279401412
     -0.0558588921
     -0.2597183459
     -0.1784180343
      0.0194105566
     -0.3060113879
      0.0833232261
     -0.1019436664
     -0.1063316832
      0.2441656315
     -0.2149432083
     -0.2078683020
     -0.2039250665
     -0.3118788160
      0.1392999418
      0.1652476256
      0.1065285701
     -0.0810510780
      0.0780682912
      0.0424507904
      0.1814562058
     -0.1280472071
     -0.2319556603
      0.1137274182
      0.0237988595
     -0.0441917069
      0.1404726442
     -0.2674565335
      0.2831608346
     -0.1865484468
     -0.1986138987
      0.0365783112
      0.1517481708
      0.2202234053
     -0.1748267760
     -0.2393344850
     -0.1862562394
     -0.0555666931
     -0.2485495392
     -0.3054159961
      0.2984519359
      0.1993174420
     -0.2783579156
     -0.1623075829
      0.1572042202
      0.1497373169
     -0.4019156922
     -0.0681834114
      0.1104013083
      0.2049855351
     -0.0552718673
      0.1773987712
      0.0438328892
      0.3438207042
      0.1063936009
     -0.2315582820
     -0.0782350593
      0.1288470231
      0.0751681233
     -0.2604038812
      0.0053427808
      0.3124194157
      0.2146478837
     -0.2589959539
      0.0415149250
      0.2128334756
     -0.1604218056
      0.2362594337
     -0.1726168701
     -0.1909272277
     -0.5064219020
      0.0355984649
      0.2581738976
      0.0223877347
     -0.0457428903
     -0.2171175736
      0.1942829629
     -0.1731395801
      0.3592480091
      0.0323477068
      0.3398369380
      0.0691987849
      0.3476945845
      0.0085852552
      0.0478449253
      0.0863773915
      0.2343169033
      0.1388203278
     -0.2234072418
      0.0867941621
     -0.1645878188
      0.2713111035
     -0.0566596241
     -0.2184942202
      0.0736781768
     -0.1627047674
     -0.1962606920
      0.2662350339
     -0.2846327191
     -0.0137035378
      0.0712993421
      0.0352708370
     -0.2391693359
     -0.1928723940
      0.1885287267
      0.1089631831
      0.0438586354
      0.1586203614
     -0.2721691594
      0.2023233285
      0.1589088797
      0.1047769316
     -0.0699470366
     -0.1308947175
      0.2765945343
      0.2974742360
      0.1080090132
      0.1896513473
     -0.2081523240
     -0.2436171767
      0.0145550255
      0.0435488921
      0.0976842880
      0.0075273873
     -0.2507261387
     -0.0642817455
     -0.0926355764
      0.2683770609
      0.3016060290
     -0.2755678795
     -0.1678178379
      0.2017422127
     -0.4109677487
     -0.0160484345
     -0.1826751820
      0.0845577480
     -0.2111229125
      0.0587794929
     -0.0348776188
      0.2550499446
     -0.2725764951
      0.2288417688
     -0.1225977584
      0.3028500793
     -0.0856853891
      0.1460415592
      0.0717545445
      0.1595034033
     -0.1721458921
      0.2266468953
     -0.1720088384
     -0.0909722275
      0.2243497786
     -0.0879546100
      0.0209270701
      0.2425416369
      0.1794085239
     -0.0566983745
      0.1781823067
      0.1468053053
     -0.0577019351
      0.2188190139
      0.2174554906
     -0.0876782820
     -0.2500209672
      0.2515917977
     -0.3379656019
      0.0321450084
     -0.3001844462
     -0.1877366778
      0.2857374345
      0.1547791019
     -0.3048693885
      0.1898011467
      0.3312016865
      0.0661092063
      0.0209132958
     -0.2295118727
     -0.2706407698
     -0.2531391501
      0.0562220531
     -0.1647643931
     -0.1117679946
      0.3031674599
      0.0858571320
     -0.2116326748
     -0.0565792866
      0.0189942968
     -0.0000645697
     -0.1158200069
      0.3975475966
     -0.1956918927
      0.1747848304
      0.2962865581
     -0.2975538376
      0.1123126221
     -0.1402781436
     -0.2686834900
      0.0439472360
      0.0456308602
     -0.1029389313
      0.2445557585
      0.1868801152
     -0.1029263522
      0.0779662062
     -0.1868075863
      0.0794536058
      0.2548404002
      0.2079443999
      0.2717496855
     -0.3133598620
      0.2946905480
     -0.1811231214
      0.0248269146
      0.1438929167
      0.1134889374
     -0.2765576550
      0.1321613695
      0.2535789233
     -0.2629571156
     -0.0743909703
      0.2365322709
     -0.0474355807
      0.1162999505
     -0.0147845122
      0.2415659541
      0.1796618047
      0.3020151320
      0.0927212079
     -0.3000623056
     -0.2077100695
      0.1741730113
     -0.1093902690
      0.1224858712
     -0.0140135114
      0.2166988152
      0.0811644988
     -0.2521060197
      0.0410003511
      0.1945665428
     -0.3107857778
      0.2975539399
     -0.2714273220
      0.1997961426
     -0.2654015673
      0.1202397623
     -0.2452727888
     -0.0262557412
      0.0848797530
      0.1163288216
      0.2320698913
      0.0894986809
      0.1364440294
      0.0555948745
     -0.2049882085
     -0.1543485619
      0.0865787774
     -0.3259446185
     -0.0164032057
     -0.1790976556
      0.2258847390
     -0.0970621786
     -0.7796780464
      0.1480798277
     -0.1234036978
      0.2589175152
      0.1163104240
      0.2135786776
     -0.1483828794
     -0.0734236027
     -0.1143835362
     -0.2488327884
      0.4559366084
      0.1330583344
     -0.0421304955
      0.2058391418
      0.1876667744
     -0.1980623331
     -0.1039850536
      0.0959184004
     -0.1334195632
      0.2578284182
      0.1988094325
     -0.0973155777
      0.1631782646
     -0.2561270948
     -0.1795420079
     -0.0843008816
     -0.0319855915
      0.0528510683
      0.2607348468
      0.2290961446
      0.0592211287
     -0.0621842569
      0.0094955623
      0.2879179030
      0.1012696107
     -0.2134976309
      0.1588445232
      0.2358697537
      0.3117674445
      0.1701406243
     -0.1412343976
     -0.1933498532
      0.2453150549
      0.2233191078
     -0.1802001791
      0.1002668974
     -0.2635479973
      0.0992298488
      0.0735697752
      0.1169706881
     -0.2997379675
      0.1416762093
     -0.1557222780
     -0.1410213563
      0.0651634563
     -0.2404915210
      0.3271132383
      0.2865267301
      0.0453126775
     -0.2617992283
     -1.0048975947
     -0.2648053287
     -0.6705087405
      1.1092712768
      1.2324994688
      0.3485715919
      0.5080543404
      0.9109636576
     -0.0491710274
     -1.2357992199
     -0.4005755018
      0.7985140109
      0.2868394476
      0.6460166482
      0.5197362753
      0.8396083078
     -1.3106953548
      0.9267898339
     -1.0480998770
      0.5717916308
      1.7041807747
     -0.0963813572
      0.9577963130
     -0.6734319247
     -0.1726776690
     -0.4117283878
     -0.5619433949
     -0.2662576924
     -0.1449248630
      0.0625609429
      0.2800207893
     -0.1586708379
      0.4680605260
      0.2185611365
     -0.7475401523
     -0.3470953684
     -0.0646479761
      0.6188417287
     -0.6247197130
      0.2949472457
      0.3566599929
     -0.2348763154
     -0.1691263604
      0.0532768004
      0.0971098069
     -0.1212484474
     -0.1380701208
      0.0569601732
     -0.4689244922
     -0.1681246913
     -0.4403515567
      0.6985862142
     -0.1268843549
      0.3023727164
      0.0645155202
     -0.0097817779
     -0.2102242626
     -0.0245631274
     -0.0151831070
      0.6735114280
      0.1373044991
     -0.1632456958
      0.3318858825
     -0.0843756135
     -0.4447727970
     -0.7205729851
     -0.4015059657
     -0.6155269559
      0.6079268137
     -0.4462373852
     -0.4012249821
      0.0221051942
     -0.3540992135
      0.1673093261
     -0.4784245614
      0.1089300344
     -0.0761634899
      0.0773961563
      0.5316708310
      0.6083503028
     -0.1101816770
     -0.9839741805
      0.2165267072
     -0.2589174442
     -0.5453586462
     -0.1858704972
     -0.0431111131
      0.3494295789
     -0.3248059055
      0.2236046537
      0.1632135940
     -0.0142416877
      0.4393273287
      0.0747986323
      0.3656584000
      0.4336709027
     -0.4440185876
      0.0200220797
      0.6081518882
     -0.2062936364
     -0.4878773174
     -0.4351317793
      0.0670252821
     -0.5772055126
     -0.0479542592
     -0.2270745607
      0.3001446471
     -0.1283261571
      0.5180754295
      0.5407962680
     -0.1689742189
      0.2128812678
     -0.3637611724
      0.4736203095
     -0.5013692956
      0.1365977270
     -0.5160898663
      0.4026313683
      0.2660214176
     -0.4799185877
      0.0617623023
     -0.1867211063
      0.1777517499
      0.1717696313
      0.0184342640
      0.2045475377
     -0.0814162250
      0.0241220336
      0.4352414217
      0.2693137231
      0.6775650570
     -0.0886599502
      0.2129460960
      0.2865760075
      0.0403168843
      0.3557563842
      0.1401648604
      0.4699386323
      0.3568102160
     -0.4358200543
     -0.6662763898
     -0.4123943061
     -0.3309987508
      0.0639341439
     -0.2052271586
     -0.4606523545
      0.4742387899
     -0.3534151890
     -0.2509355970
     -0.0238419688
      0.1503957468
     -0.6411816270
      0.0769445952
      0.1442248085
     -0.2169516050
      0.4842896298
     -0.7131221990
      0.3673083385
     -1.2371267305
     -0.2592108109
     -0.3261621809
     -0.4670483851
     -0.4610492928
     -0.1658554314
      0.3478978116
     -0.1195334302
      0.1829049173
      0.9018019137
      0.1032677479
     -0.1230820065
      0.0752569487
     -0.2644013627
      0.0172111981
     -0.6004247036
     -0.7075387515
     -0.0691839913
      0.0090486315
      0.5373434696
     -0.3813502403
      0.0052908696
      0.5770810992
     -0.6863106930
     -0.3482098131
      0.6088281890
     -0.2494787058
      0.5451045851
     -0.1954046754
     -0.2025692955
     -0.4385083597
     -0.7043374975
      0.3311691365
      0.2440232821
      0.4956235580
     -0.4452144124
     -0.2674097401
      0.4506707151
      0.0146447778
     -0.0166956224
     -0.2427772543
     -0.7163236757
     -0.1655506275
     -0.1700314893
      0.4860884941
     -0.1438904008
      0.1286280152
     -0.4492598578
     -0.2393299117
     -0.6069298188
      0.2694622527
      0.4600644334
      0.4299776710
      0.1111905732
      0.1572207508
     -0.2776717893
      0.5450822559
      0.5266264088
     -0.5719592314
     -0.5199760091
     -0.2918378706
     -0.6005590754
     -0.4041342506
      0.0872178886
     -0.0554295515
      0.3356236572
      0.8621654647
      0.0217306459
      0.2020825311
     -0.3723402249
     -0.6543091542
      0.2817121086
     -0.3738111125
     -0.0659066341
      0.2943577115
     -0.2053928222
      0.0997433645
     -0.1006923166
     -0.1321684059
     -0.2918776071
     -0.0743724969
     -0.2020625674
     -0.3350609457
     -0.4633696603
      0.8460669277
     -0.2435237164
     -0.5200476533
      0.3561973033
     -0.4035847309
      0.1639334459
     -0.0677420692
      0.5384715979
      0.4360323610
     -0.2934168266
     -0.3881961540
      0.2457629498
      0.6724106921
      0.1659655452
     -0.5305415097
      0.0172158717
      0.0694566833
     -0.3588683687
     -0.4684710981
      0.2658479147
      0.5443312388
     -0.4803937117
     -0.8284109941
      0.0693920900
     -0.1038768918
      0.4943593927
     -0.0434389719
     -0.5652904967
     -0.4978160459
      0.0556756658
      0.7449346503
     -0.1833363640
     -0.2352315572
      0.4751463878
     -0.2269575488
      0.9955263630
     -0.8912983720
      0.3580718558
     -0.3745356770
     -0.5242565592
      0.6115709723
     -0.3325669098
      0.1977460008
     -0.4372419741
     -0.0511505088
      0.4273658412
      0.0873678304
      0.6958218222
      0.4866614736
     -0.0889910448
      1.1696119863
     -0.3196206566
      0.3880856786
      0.4136025007
      0.0532329575
     -0.3219467920
     -0.2409705611
      0.4881925045
     -0.0730837935
      0.0458909889
     -0.3256307110
      0.1273610646
     -0.4021925201
     -0.3868418480
     -0.0882142393
     -0.1258171586
     -0.1650169912
      0.2229405307
     -0.5118273438
      0.0436502976
     -0.1347073157
     -0.0822557904
     -0.4860967752
     -0.4143494758
      1.3863034390
      0.4237153876
      0.5620570887
     -0.0919853707
      0.4816366822
      0.0432812055
     -0.6303766010
      0.8014967758
      1.3045485347
     -0.9356596868
     -0.2176411960
      0.2084808082
      0.3453387852
     -0.7246404581
      0.0599415798
      0.6923010490
     -0.3697179507
     -0.3133242306
     -0.4291679743
      0.3714636511
      0.5144467277
     -0.3554574574
     -0.0510702625
      0.0112746435
     -0.2644345159
     -0.0917123190
      0.2682244456
     -0.2651267831
     -0.0910671470
     -0.5356705661
      0.5224734505
     -0.0501600970
      0.4027732805
     -0.0799514408
     -0.4837827863
      0.3882310179
     -0.4228277014
     -0.5044055654
      0.5939147047
      0.6889990579
      0.1650623113
     -0.0393461474
     -0.0440001866
      0.0777806263
      0.3579898684
     -0.0941210480
     -0.1140375925
     -0.0066700569
     -0.4304535411
      0.1950284829
     -0.3511801358
     -0.0429218274
     -0.1282398062
     -0.5922195788
     -0.2103124159
     -0.4810932609
     -0.0639960904
     -0.2346451788
      0.4272035059
     -0.0326441909
     -0.1199876852
     -0.4723459733
      0.4341032772
     -0.2856690322
      0.1043209012
      0.0268757355
      0.1268020364
     -0.7076010687
     -0.3406746886
      0.1130386862
     -0.9874277774
     -0.1586491620
     -0.7059398477
      0.0204222489
      0.1067111765
     -0.2955251493
     -0.2834674628
     -0.3328558026
      0.0440857385
      0.4440501979
     -0.3310398479
     -0.1280112303
     -1.2580422792
      0.1359530359
     -0.2184370464
      0.0056286840
      0.1604269668
     -0.5066182905
     -0.1896567818
      0.2158464709
     -0.1735783618
      0.6922995030
     -0.3306073874
     -0.1476950552
     -0.2995627004
      0.3601550864
     -0.7763445015
      0.0014952043
     -0.5655798637
      0.1363974844
      0.2170491652
     -0.3705338894
     -0.2411151977
     -0.5811589974
      0.0997408470
      0.6561305091
     -0.2473042762
     -0.0980701546
     -0.1978626224
     -0.7513319595
      0.4520077178
     -0.8876962659
      0.3211513873
     -0.9406667081
     -0.5998912594
     -0.3124716228
      0.0416829396
      0.0627015030
     -0.7164536029
      0.1977569259
      0.3604042177
      0.3463515640
     -0.5132718264
      0.4381548792
     -0.3489693238
      0.4750448210
      0.3446279697
     -0.3665135975
      0.1131504420
      0.2077485674
     -0.3141929092
      0.6680322462
      0.0194355294
      0.4556170117
     -0.4450720214
      0.6078308975
     -0.6358305130
     -0.0680054378
     -0.2717112358
     -0.6758666247
      0.3546795999
      0.3023162632
      0.3017970234
      0.3199977773
     -0.0319129094
     -0.0335346334
      0.4829781749
      0.0910546816
      0.4513579317
     -0.3324445053
      0.3285969540
      0.4067416396
      0.7500954142
     -0.0458594041
      0.0834418127
      0.0829435169
     -0.1124053744
      0.0705117380
      0.0344831905
     -0.1976493047
      0.0180379863
     -0.9080332361
     -0.1782416968
     -0.9030074569
      0.0181832501
      0.8111689533
      0.3283909097
      0.5437905293
      0.7252319949
      0.1329021793
     -0.2226006958
     -0.0942014115
      0.6369117286
     -0.7314854964
      0.3781420466
      1.5373637604
     -0.0299185805
      0.2157306927
     -0.0004743266
     -0.1659282177
     -0.1115005208
      0.0290608574
     -0.2088605021
      0.1991970460
     -0.2279144579
     -0.2076379284
     -0.0171069621
     -0.1828647216
      0.6356486107
      0.5311706274
     -0.0416155072
      0.4017275775
     -1.3382569034
      0.3941942344
     -0.4234625523
     -0.1748463577
      0.6878932354
      0.3317619029
     -0.2709748511
     -0.0157807236
      0.3100427292
      0.0828888389
      0.7778132473
      0.3379550699
      0.5065734343
     -0.5213771796
      0.4370027405
     -0.2441191804
     -0.7124878055
     -0.7038197582
     -0.4647529599
      0.4336075860
     -0.0577530859
     -0.4109568761
     -0.3960679964
      0.1612017256
      0.9081970886
     -0.4436155434
     -0.1567948839
     -0.1117135003
     -0.4932606317
      0.0274329181
     -0.0531377178
     -0.7621159582
     -0.1188411395
      0.1977599236
      0.0946579956
      0.4748133423
     -0.0558286096
     -0.1576251296
     -0.0296001303
     -0.0917564331
      0.4361417701
      0.1647681210
     -0.7005324120
      0.3212324226
     -0.3113670552
      0.0986410209
     -0.4838627743
     -0.5178504360
     -0.2418260507
     -0.4226554914
     -0.7031888892
     -0.3044656022
     -0.3082788268
      0.3597142943
     -0.0846422394
     -0.0476065552
     -0.6032185270
     -0.2292898761
     -0.2505641364
      0.6529244173
     -0.5057655033
      0.5582394554
     -0.7852390457
     -0.4307254090
     -0.0760208092
     -0.8019661195
     -0.2742887819
     -0.5131465234
     -0.0065474565
     -0.0344396626
      0.5153689156
     -0.4861995369
      0.5504732340
     -0.3242591869
     -0.3107353343
     -0.1693844509
     -0.4554206723
     -0.1453599981
     -0.5168446356
      0.5219166975
     -0.4851113344
     -0.3671434402
      0.8649817076
     -0.6264415307
      0.2790730033
     -0.0514558799
     -0.7690055751
     -0.3379989214
      0.1507203741
     -0.6030348146
     -0.1282979574
      0.6239684998
      0.4636452252
     -0.2255327743
     -0.5853634225
      0.6286367964
     -0.1845509139
     -0.7723417806
     -0.4234230775
     -0.5020719072
      0.6883964210
      0.4637261618
      1.2732517212
     -0.1441653365
      0.4468575557
      0.5825532447
     -0.4637609700
     -0.7085684461
     -1.3019496113
     -1.4002281283
      1.0395070941
     -1.0904953243
     -0.0418526843
      0.1561521677
      1.5619248732
     -0.2889589615
     -0.0151317216
      0.2829812364
     -0.1404039317
      0.0480409156
     -0.2887836522
     -0.4857875611
      0.0812048135
      0.0054079392
      0.0512679891
     -0.0539890029
      0.0907048235
     -0.3892213244
     -0.0530509517
      0.0189757721
     -0.1131549658
      0.0873419122
     -0.0021424303
      0.0656339893
     -0.1692115259
      0.1951096671
      0.0279725969
      0.1033665862
      0.0231919763
      0.0065848623
     -0.5508186935
