     -0.2388020276
      0.3804717480
     -0.0569783211
      0.4821941897
      0.2521980811
      0.4883618214
      0.3037119844
      0.5064395712
     -0.0027813786
     -0.1138265775
      0.0419527565
     -0.1739449233
     -0.1226810790
      0.2681085150
     -0.3583443386
     -0.1508978649
     -0.0229612596
      0.5685998433
      0.0079754411
     -0.3711411015
      0.4448706476
      0.5814396320
     -0.3089857600
      0.5705209803
      0.2061706965
     -0.8776157200
      0.3246388090
      0.1097627765
     -1.1496033478
      0.4354511393
     -0.0550017997
     -0.0597442087
     -0.2302438884
      0.8493838341
      0.3042194422
     -0.4506348966
     -0.0550280936
      0.4071435996
     -0.3369846225
      0.0124053766
      0.5850321987
     -0.0290011054
     -0.1474150030
      0.5578776990
     -0.3343317833
      0.2731381139
     -0.0018354257
     -0.9345201564
      0.3031524591
      0.0896900398
     -0.2178672967
      0.0921015498
     -0.4463070602
      0.3438597406
     -0.1904135394
      0.3864008516
     -0.1912075074
      0.3022052939
      0.0084510988
      0.3005420851
      0.0217575083
      0.2121427725
      0.5533064474
     -0.3911343094
      0.2986322789
      0.1418663312
      0.2607189796
      0.0151692554
      0.2311042625
     -0.8730368813
     -0.0400663730
      0.0373615439
     -0.0439323490
     -0.1754399619
     -0.0304231498
      0.5607152642
     -1.8977673801
      0.1566096015
     -0.9868370109
      0.3720079036
     -0.1735649501
      0.0626859535
      0.0604007077
     -1.5772379192
      0.0897244822
     -0.3409095548
      0.5890282424
      0.0140123560
     -0.0868885486
     -0.0660552273
     -0.1618290306
     -0.5393545743
      0.0851886061
     -0.1633121036
      0.3111620026
      0.1125246274
      0.1562912736
      0.4102427409
      0.1012005360
      0.0240090138
      2.1853533709
     -0.1218359221
      0.2582937868
      0.0437900722
      0.2820214576
     -1.0007432427
     -0.2083046039
      1.8665895849
      0.2946476981
     -0.1459482922
     -0.5217898977
      0.3211482105
     -0.7763152705
      0.7263101019
      0.1447358362
     -0.8752365761
      0.1410071137
     -0.2037478308
     -0.7398124560
      0.2920960396
      0.4478067889
      0.3417612370
      0.2419860045
      0.0516047825
      1.3275675122
      0.4156961010
     -0.0324815186
      0.0635513901
     -0.4777639461
     -0.2556301486
      0.0001154817
      2.0011366856
     -0.2399970278
      0.2320629090
     -1.5984036299
      0.2080016495
     -0.5764423211
      0.1843414096
     -0.1508085753
     -0.5240309388
     -0.7918910081
     -0.8300705066
     -0.7658334317
     -0.1269958140
      0.3165394651
      0.1170212132
     -0.2078137760
      0.8791070548
      0.3470815355
      0.0386966299
     -0.1825471124
     -0.1135207015
      0.0042555280
     -0.8468575029
     -0.3306114029
      1.0599546896
      0.1649279807
     -0.2299417536
      0.6529027284
      0.2698848038
     -0.2629620338
     -0.0824599981
      0.0777151359
     -0.9067482801
      0.2913289525
      0.2290818034
     -0.2651958664
      0.4566955580
      0.1381096720
     -0.3909454483
     -0.2797191496
      1.1673017887
      3.4036389492
     -0.0519018814
      1.1527473684
     -0.6629476878
      0.4240060494
     -1.7384751434
     -0.0682333616
      5.3715827973
      0.6011162714
     -0.1645343803
     -0.1276914298
      0.1222739467
     -0.7433112270
      0.0226621782
     -0.1840203401
     -1.0540941359
     -0.2478227666
     -0.7894334897
     -0.5598631186
      0.9805830992
      0.0570374258
      0.1662926726
     -0.0439707190
     -0.0313264041
     -0.3110608840
     -0.1036862157
     -0.1048870939
      0.2680572320
     -0.1408771606
     -0.1005990809
     -0.2206654753
      0.0789697792
      0.0612925643
      0.0760421971
     -0.0895079470
     -0.2581123252
      0.2490040116
      0.3702027973
     -0.2368938887
     -0.2877966411
      0.1086343981
      0.2201330919
     -0.0317182498
      0.0558385031
      0.1335599474
     -0.0020905475
      0.5164759080
      0.0319174398
      0.4524263167
     -0.0412704924
      0.2135188250
     -0.2324355287
     -0.0430315319
      0.2338168770
     -0.3150639274
      0.1530705893
     -0.2130623623
     -0.2321161512
     -0.4272462486
     -0.0427838280
      0.3031291593
     -0.0529010178
     -0.3558948065
      0.0495817016
     -0.0234211959
      0.1196078943
      0.1198660378
      0.0168775261
      0.2345448418
      0.3495202956
      0.1473236492
      0.2258238108
     -0.5294566814
      0.2325901023
     -0.3600840282
      0.3656062189
     -0.1226047597
      0.4279862180
      0.0582983408
     -0.7172139804
     -0.0421307067
     -0.0496646207
     -0.2832912519
     -0.0803703603
     -0.0297550610
     -0.1073985042
      0.2156504185
      0.4755663558
     -0.0464481414
      0.5355945414
     -0.0845013244
      0.3265120448
     -0.1954652168
     -0.2151121559
      0.1312096381
      0.4618577531
     -0.4424227979
      0.5600722984
      0.3962138766
     -0.1879464097
      0.1447736067
     -0.3658278890
     -0.0721534800
     -0.3827469898
      0.1339653798
      0.3990555512
     -0.0903768791
      0.2874261649
      0.0059614617
     -0.1904733314
     -0.0744226981
      0.4778358631
      0.1161056380
      0.3303722326
      0.2727379587
     -0.1868966655
      0.2284209206
     -0.6041547947
      0.3740699983
     -0.4026769159
     -0.1539842158
      0.0423028215
     -0.3549084362
      0.6939800996
      0.3264015332
     -0.2752414095
     -0.0767306963
      0.0296166546
      0.1818860951
      0.0299740329
     -0.3318663002
      0.1603664488
      0.4214840936
      0.2049057824
     -0.3749285527
     -0.6311012566
     -0.3802699215
     -0.1003832376
      0.1035944622
     -0.3356503420
     -0.2198817091
      0.2208413263
     -0.3017165308
     -0.4473962611
      0.4997582865
      0.0452317779
      0.4000088876
      0.0893252608
     -0.1419250931
      0.0057479570
      0.3711236085
      0.9054355415
     -0.1065677820
     -0.0974774004
      0.2413392455
     -0.0843231976
      0.1827332307
     -0.3564817559
     -0.0844059354
     -0.2193770179
     -0.0336462225
     -0.9274748937
     -0.1117602993
      0.0915961989
     -0.1525214145
      0.1556188862
     -0.2844320052
     -0.5090672951
      0.1663594240
     -0.5013205904
     -0.3917004005
      0.1897216409
      0.0647812295
     -0.0551433951
     -0.1236519048
     -0.2014937065
      0.3026142587
      0.0229166571
     -0.1399715760
     -0.0152928129
     -0.1711012696
     -0.2761162281
     -0.0868711835
     -0.0776913233
      0.2933490220
      0.2612902868
     -0.0730873354
     -0.1610055248
      0.2532001562
     -0.3043348664
      0.0208623062
      0.2705190647
     -0.5702475578
      0.3108047207
     -0.4664812008
      0.0048800633
     -0.3382204842
      0.5743674290
     -0.2547226188
     -0.8329554656
      0.0252678634
     -0.2425342603
     -0.0725142016
     -0.0455224911
     -0.0279170255
     -0.2672922475
     -0.0156746546
     -0.4124078160
     -0.4774906588
     -0.3493483902
     -0.1074120704
     -0.3906086644
     -0.0404300560
     -0.1785321974
      0.3945773134
     -0.1561577372
      0.4780846689
      0.0744546112
     -0.3474905830
     -0.2719111437
     -0.1918393903
      0.0347244224
      0.0107266615
      0.0339396158
     -0.2600221671
     -0.0109373845
     -0.0377896221
     -0.0775192167
      0.1688877711
      0.1879665589
      0.0080306536
     -0.2150852221
      0.1192064045
      0.6530105756
      0.0859096593
      0.0655306885
     -0.2440463744
     -0.0804884812
     -0.1879227833
     -0.1923865998
      0.0225078256
     -0.2739520517
     -0.4275328414
      0.4108310012
      0.0687027393
      0.3825254214
     -0.1603702000
     -0.2121539860
     -0.0288215375
      0.0275251826
     -0.0564032416
      0.0219163397
     -0.0168291391
      0.1105906546
     -0.1563738375
     -0.2020611739
      0.3450636848
     -0.0565233023
      0.0622568705
     -0.2528910755
     -0.2741460415
      0.4101087759
      0.4169128348
     -0.3467835649
      0.1621544016
     -0.5161475265
     -0.2212823656
     -0.5321771417
     -0.0250161858
      0.0758109667
     -0.2326960939
      0.1543692209
     -0.2540228563
     -0.1228417590
      0.5619535965
     -0.2061457296
     -0.3806137674
      0.0815621023
     -0.3192535503
     -0.0468827598
      0.5514497008
      0.2569335647
      0.1831473723
      0.1198452359
     -0.4794635738
      0.0222421305
      0.2208522525
      0.1379224706
      0.7655834361
      0.1465176366
      0.3615983497
     -0.2756105230
     -0.3743763059
      0.4189795377
      0.3239534540
      0.6700664220
      0.2027766385
      0.3353321508
     -0.7030254437
     -0.2276310566
     -0.0027013441
      0.2603072646
     -0.0087836275
      0.3615999579
     -0.1699956995
      0.1866436712
      0.0008419223
     -0.2547909996
     -0.1867984994
     -0.2513145467
     -0.1279748493
      0.5332810805
      0.3164441321
     -0.3755477995
     -0.1439764116
      0.3359583725
      0.1849291918
      0.6077315730
      0.0706319308
      0.0862673149
      0.2529105704
      0.2474564291
      0.0932434900
      0.4205712056
      0.1946756479
      0.5018970365
     -0.4963571321
      0.1174867504
      0.1628156936
     -0.2026719623
      0.3740871238
      0.0104551505
      0.0711586307
      0.0194225177
     -0.0860645633
     -0.1084656324
     -0.4546473698
      0.0191776074
     -0.0359010715
      0.0050385484
     -0.1744643644
      0.5224664385
      0.0965695707
     -0.5985734671
      0.2722294780
      0.2863683028
     -0.1763451898
     -0.2406388732
     -0.0596961168
     -0.4621450745
      0.3707300025
     -0.1267078672
     -0.1236622990
     -0.3253509324
     -0.1130435051
      0.2062356842
     -0.3435200413
     -0.0057674550
     -0.1561546061
      0.4568358917
     -0.3312045226
      0.3102403127
     -0.0983484905
      0.1289063189
      0.3946010318
     -0.4738905067
     -0.3875809048
     -0.0264661087
     -0.3525823472
      0.1032713100
     -0.0786414950
     -0.1016138042
      0.0336260958
      0.3820407924
     -0.0445296282
     -0.0262865862
     -0.0949290083
     -0.0534007575
     -0.0528635427
      0.0361519525
      0.2335853620
      0.0225147012
     -0.3738864765
     -0.1731540930
     -0.1628232793
     -0.1441642355
     -0.1311971300
     -0.8432670590
     -0.2335811542
      0.1125431637
      0.1746416723
     -0.4138531433
     -0.0900967721
      0.0834984222
      0.3444139444
      0.4452890925
      0.0779645081
      0.3036009423
     -0.4072759627
      0.6647476196
      0.3592912766
     -0.2143935273
      0.1894856658
     -0.0901786591
      0.2491862456
      0.1935659045
      0.7082671713
     -0.5167262847
     -0.2740813397
      0.5292872922
      0.1500578479
     -0.1755131717
     -0.1184455495
      0.0897992871
     -0.4407630583
     -0.3727267270
     -0.0222111865
      0.3181669939
     -0.1306802115
     -0.2650128254
      0.2129072662
     -0.0515554771
     -0.0173171645
     -0.2072829073
     -0.0449822093
     -0.1518050042
      0.2828510627
     -0.4717112971
     -0.3281914414
     -0.1900960460
     -0.3044941284
      0.3669894752
      0.0268601671
     -0.1052717765
     -0.0666084881
     -0.3222537386
      0.0892476167
     -0.4080232331
      0.0542149930
      0.2315400046
      0.2143316494
      0.1043351054
      0.0918430666
      0.2556294563
     -0.0934839018
      0.1272664830
     -0.3013237436
      0.4794833806
     -0.2151849434
     -0.0395329980
      0.3283634943
      0.3887487133
     -0.1170030664
     -0.4999007448
     -0.2481795522
     -0.1873131714
      0.1995246415
     -0.4024446568
     -0.1173367731
      0.3177564888
      0.2574264601
     -0.1058909551
      0.0187440646
      0.1686333006
     -0.1115522611
      0.2733380808
     -0.2894072982
      0.2013806285
     -0.1107387820
      0.3748345727
     -0.1370511539
     -0.1643376005
      0.2677163157
     -0.2346447380
     -0.1478738892
     -0.2744613053
     -0.3351841812
     -0.0274872306
      0.0370122003
     -0.0044113757
     -0.3182596741
     -0.4271787640
     -0.0492027464
     -0.1059121363
      0.0649129780
     -0.6798991781
      0.1677083852
      0.3678996094
     -0.4501948220
      0.5756811444
      0.2144177615
      0.2495319659
      0.2150662296
     -0.1158999579
      0.2025302850
      0.3731730609
     -0.6216892486
      0.5200070372
     -0.3011628065
     -0.7256314139
      0.2884042838
     -0.2884612290
      0.0826804300
     -0.1998852185
     -0.0412324444
      0.2854211981
      0.2924863712
      0.0056611677
      0.3937795196
     -0.3759397642
     -0.2636291201
      0.5377099574
      0.0904937629
      0.0147930830
     -0.0790903363
      0.4177171006
      0.1972860756
      0.0951272345
     -0.4044136846
     -0.2300030323
      0.0299380623
      0.2487523820
     -0.4231754153
     -0.3103912403
      0.0758927778
     -0.0568222351
     -0.0915051170
     -0.1382016835
     -0.3018946393
      0.4227876149
     -0.1176762627
     -0.0910870320
      0.2447729615
     -0.6806846609
      0.2234453379
     -0.9898247989
      0.1560383860
     -0.0067080063
      0.7417642338
     -0.2197606793
      0.0767067320
     -0.4876918216
      0.1443262593
     -0.5028888544
     -0.0840609293
     -0.0038615060
      0.1235841936
      0.1235914999
     -0.2317701761
     -0.1119091747
     -0.1444586517
     -0.2698940478
     -0.1166818216
      0.2152945201
     -0.2440356557
      0.0250987319
      0.1007273613
      0.1444896564
     -0.2401949072
      0.1862109001
      0.1072061675
      0.2975492724
      0.2154859585
     -0.1118986724
     -0.2215605870
      0.1729057257
     -0.2259931805
     -0.1290034144
     -0.1567635261
     -0.2222536189
     -0.1312364108
     -0.1989449569
      0.0621056562
     -0.3235526518
      0.1922890285
     -0.1663746850
     -0.0505637713
      0.0778237032
      0.1886442876
     -0.0935464528
     -0.0112811525
      0.1836670097
      0.1007780207
      0.0634808838
     -0.2831793325
     -0.0789216566
     -0.0949159704
     -0.2574420668
      0.1669569660
     -0.1821193031
      0.0933240290
     -0.0611485482
     -0.2187666175
      0.2407251746
      0.1363397035
     -0.1790019797
     -0.2141184497
     -0.0218845472
     -0.0881916001
     -0.0876654236
     -0.0252108575
     -0.3007896133
      0.0065680077
     -0.0746703602
      0.2593343693
      0.0972262882
      0.3062175482
     -0.0734735773
     -0.2067277750
      0.1403339199
     -0.0554182236
      0.1948792885
     -0.3243112425
     -0.2409023225
      0.2706308845
      0.1435386105
      0.2806367650
     -0.1968351926
     -0.1059440921
     -0.2436123870
      0.1811493024
     -0.1875662476
      0.2277674648
     -0.2319093203
      0.4193362659
     -0.0929141402
      0.1250610170
      0.2827429369
     -0.0651746368
     -0.0594294779
     -0.2394052172
      0.3869690479
      0.1003302776
      0.3077135011
      0.2341615195
      0.1499164567
     -0.2969858568
      0.0784934820
      0.1540116633
      0.2280684275
      0.2491625505
     -0.0654459260
     -0.2473340751
      0.0003875708
     -0.2282364125
     -0.1931335645
     -0.2526597320
     -0.0432440897
      0.0788348328
     -0.1792656547
     -0.0714043982
     -0.1662907247
      0.2176550452
     -0.1467869852
      0.3154842902
     -0.3336163461
      0.0249288795
     -0.2786670732
      0.2953228249
     -0.2549398855
     -0.1009248098
      0.2933078113
     -0.0623922443
      0.2319520384
     -0.1345245336
     -0.1149697504
      0.2507781172
     -0.3184599840
      0.2675878415
      0.0938123309
      0.1468179865
     -0.1752628932
      0.2512343732
      0.2890699561
      0.0701029117
      0.2428842419
      0.0290364423
      0.1821048500
      0.1960289784
      0.2131626253
      0.0478562145
     -0.0343963983
     -0.1847189478
      0.1379788444
     -0.2574629750
     -0.1614323696
     -0.2272275927
     -0.2029102530
      0.0700137451
      0.0076755492
     -0.2742998568
     -0.3219011287
     -0.2650852799
      0.1722883125
      0.3114454607
     -0.2185183120
      0.0980257935
     -0.1080325221
     -0.2121713972
     -0.1394318051
      0.0536995044
      0.1032641528
      0.0641479861
      0.2997441481
     -0.1627097338
      0.2604350484
      0.3025748697
      0.2417800582
     -0.1212657979
      0.2964558363
      0.1816592263
      0.2380584943
     -0.1449372719
      0.1542818535
     -0.2816065822
      0.1082858057
     -0.1101813510
     -0.1643996922
      0.1902830950
     -0.0215920905
     -0.2357413205
     -0.2668955366
     -0.1182019116
     -0.1152067372
      0.1738563044
     -0.1606106053
     -0.1545136092
     -0.2439170388
      0.3295527541
     -0.1909829558
      0.0019449120
     -0.1981624409
      0.2309451811
      0.2715987921
     -0.0544211484
     -0.2468263843
     -0.1282925686
     -0.1104971433
     -0.2266114356
      0.2216783193
      0.1333045660
     -0.2400437240
     -0.0735174467
      0.0759646369
      0.1438792932
     -0.1049126672
     -0.2584874709
      0.3140983032
     -0.0904111260
      0.0850906116
      0.2412648314
     -0.3495796728
     -0.0808791506
     -0.0790899840
     -0.0759918911
      0.2588312824
     -0.1404262439
     -0.0818872444
     -0.0699782023
     -0.2393654696
     -0.3060445980
     -0.2720636276
     -0.3198666846
     -0.0615222429
      0.1606506096
     -0.2861150319
     -0.0001650070
     -0.0734062549
     -0.0303699840
      0.1254251572
     -0.0421035279
     -0.3264687946
      0.2504879787
     -0.0862847590
     -0.2506597617
      0.1678218529
     -0.3202235782
     -0.2949060628
     -0.0199741600
     -0.2186553576
     -0.0165831581
      0.1400204565
     -0.0295119733
      0.2762209668
      0.0699532462
      0.1472641495
      0.2609724313
      0.2097113614
     -0.0994749149
      0.2911177546
      0.1353110644
     -0.0980859299
      0.0768737700
     -0.1910078284
     -0.3132029311
     -0.1427992720
      0.1604867376
     -0.2186307047
     -0.2492681180
      0.0423804661
      0.0943391693
      0.0387334994
     -0.0301446464
     -0.0826343106
      0.0000654381
     -0.0859318263
     -0.2059389076
     -0.1606540983
      0.1243111208
      0.1111489361
     -0.1364314083
      0.1287835683
      0.0765490875
     -0.2876716374
      0.1166382325
     -0.1495998406
     -0.3302814644
     -0.3031734398
      0.2635932583
     -0.0393747483
     -0.2483532581
      0.0031257958
     -0.3039614919
     -0.4431856473
     -0.0293776301
     -0.0976373048
      0.0286486091
     -0.1114281925
     -0.2587389633
     -0.0476033969
     -0.0668350670
     -0.0216700051
      0.2231981500
      0.3346092688
     -0.0186576050
      0.0012613554
      0.2073234413
      0.0440004844
     -0.2892483879
      0.1601427411
      0.0782688471
     -0.3112413472
      0.0522680080
     -0.1299618019
      0.0020879440
     -0.2863523977
      0.0751104339
      0.0915892538
      0.1123090503
     -0.1819616921
     -0.0521399813
     -0.2520643409
     -0.3056986009
     -0.3247645995
     -0.0397108538
      0.4139448777
     -0.1253663727
     -0.3470470399
      0.3740263147
      0.1361872246
     -0.0609376101
      0.2417900380
     -0.0580024035
      0.3603154748
      0.2635902776
     -0.2941767281
     -0.2958857248
      0.0766822792
      0.2395463414
      0.0977283392
     -0.0272127096
      0.4385722337
      0.0445940572
     -0.3123669113
     -0.1555240034
     -0.0115828525
      0.0691513043
      0.1757094795
     -0.2986921026
      0.0853341641
     -0.1912625466
     -0.1839569382
     -0.2986885389
      0.3834374826
      0.0131502354
     -0.1634708299
     -0.0438733165
      0.0010085650
      0.0477856183
     -0.3147079633
     -0.1801203654
      0.0642227097
     -0.1185987106
      0.2779948583
      0.1968900716
      0.1833372048
      0.2608316330
      0.0531947546
      0.1998213357
      0.1637416802
     -0.1086656572
      0.0693512916
      0.2480600832
      0.2552128823
     -0.0237684668
     -0.0905879959
      0.1343717585
     -0.1192292327
      0.0461186313
      0.4614088069
     -0.1664982882
     -0.2135139118
      0.7307300448
     -0.1604874325
      0.2799769379
      0.1235988951
     -0.2294678612
      0.0236089237
      0.1214371407
      0.4969774321
     -0.3252997894
     -0.1904446551
     -0.5882391714
     -0.1248108657
     -0.5243014334
     -0.2130052511
     -0.0765802375
     -0.1223582621
     -0.0076321035
     -0.0224400415
     -0.0892975634
     -0.2933044934
      0.0702517885
     -0.1875346822
      0.2788963369
      0.1012284494
      0.0945298996
      0.4230460845
     -0.4193243011
      0.0714099405
      0.2389023293
      0.1775683624
      0.1817537613
      0.2105410484
      0.1802999496
     -0.0988591752
      0.1228925277
     -0.0321502835
      0.0740551629
      0.0746897587
     -0.1868873904
     -0.3812270931
     -0.0021273235
     -0.0473488085
     -0.0790712594
      0.2099585039
     -0.3279345522
     -0.0729373499
     -0.2525532342
      0.1882704055
     -0.4876738370
     -0.1419483756
     -0.1543467214
      0.1746067841
     -0.1935733113
      0.2750864493
      0.0911233416
     -0.6832753388
     -0.1630386488
     -0.3078678888
     -0.0391232600
      0.2928129062
      0.0302417380
     -0.1715843845
     -0.2445281872
      0.1399919124
      0.0289599494
      0.3944449052
     -0.1437873897
      0.2179373835
      0.0678189386
      0.2262965396
     -0.2002804259
     -0.1497235009
     -0.2608914192
     -0.1628678214
     -0.0748020797
      0.1312255145
     -0.1882252523
      0.1181133460
      0.2409256511
     -0.0526824635
      0.0283102421
      0.0961956834
     -0.1422725812
      0.0308364652
     -0.2920614743
      0.0566035029
      0.2870278429
      0.1758555395
     -0.1565915016
      0.2272242401
     -0.0804873061
     -0.0964614349
     -0.2648886689
      0.2885632303
     -0.2753734006
      0.2087192757
      0.0990436422
     -0.1222181552
      0.2758641309
      0.2447223080
      0.2624181540
      0.3301320475
      0.1971216332
     -0.1323612268
     -0.0499827186
     -0.2207036686
     -0.2820376361
     -0.2879945775
     -0.2178580750
      0.3098381014
      0.2497478095
      0.2206522239
      0.2927277626
     -0.1146502710
      0.1197901741
      0.1294215577
      0.2257447452
      0.2400667130
     -0.1078671828
      0.1189337770
     -0.2039529031
     -0.0007790437
      0.0339068069
     -0.1730885315
      0.2255785986
     -0.2103598142
     -0.2726711875
     -0.0999087941
     -0.3185426840
      0.2544447401
      0.0806029803
      0.0989701534
     -0.0416490089
     -0.0316600315
      0.1370906118
      0.0254473409
      0.2216238003
     -0.1816216257
      0.2467032569
      0.2143237224
      0.0146645773
      0.0169522357
     -0.2402862305
     -0.2505537185
     -0.0128305185
     -0.1543718040
     -0.0254765407
     -0.0543767988
     -0.1782744166
      0.0300139901
     -0.1386184996
      0.0059662160
     -0.0995582350
     -0.1809482304
     -0.0500049432
     -0.1854883759
      0.1615578708
     -0.1191173004
     -0.0000112339
     -0.2549572524
     -0.0849490017
     -0.0104537342
      0.2827062276
      0.2633458157
      0.0357918674
      0.1345668205
      0.1942430729
     -0.2725410624
      0.1940543198
      0.0559225843
     -0.2155710321
      0.0737759431
      0.0123267373
     -0.1960046647
      0.3132933661
     -0.1271903018
      0.0226915358
     -0.0553357632
     -0.1929721549
     -0.1540458333
     -0.0521098748
      0.1525599885
      0.0572814265
     -0.0757789420
      0.1405536187
     -0.1232291651
      0.1253043268
     -0.1466177295
     -0.2299218418
      0.2187882428
     -0.1405464488
     -0.2662571840
      0.1359098902
     -0.0638606229
     -0.0580418118
     -0.1670182284
     -0.3039080195
      0.1616467352
      0.0093964166
      0.0134866998
     -0.2835948113
     -0.0424598042
     -0.0655316831
     -0.2858909276
     -0.1879976136
      0.2150194345
      0.0815902476
      0.0736297845
      0.1506394494
     -0.1351249614
      0.2110502616
      0.0849470885
      0.0363478085
      0.0440933901
      0.1594210701
      0.1209852613
     -0.2038186629
      0.1910827908
     -0.3541351503
      0.2959064304
      0.0441052552
     -0.1404313394
     -0.2698542696
     -0.2924437312
     -0.1885325241
     -0.0340751940
     -0.0126840235
     -0.1840732767
     -0.0007329246
     -0.1926559757
     -0.0268124645
     -0.1460851719
      0.0902005519
      0.0892219868
      0.0429769651
      0.2176121616
      0.0341891271
      0.1428478731
      0.0895462287
     -0.0389419124
     -1.0783999382
      0.3444577383
     -0.5199247338
      0.2316321926
     -0.3010300478
      0.4517556438
     -0.0073242101
     -1.4338743550
     -0.2857946764
     -0.0428926301
      0.0519090567
      0.1477018187
     -0.0880144555
     -0.1325627313
     -0.2035420872
      0.3136459741
      0.3449054952
      0.1453642370
     -0.2218870927
     -0.1390603579
     -0.0565822979
     -0.1504161070
      0.1417184042
     -0.3222723761
      0.3248788346
      0.1708699023
      0.2712702999
      0.1328682432
     -0.1281926239
     -0.1051236003
      0.1527264182
     -0.1991008993
     -0.0339607739
      0.1602106642
      0.0861765294
     -0.0198565695
      0.1148736690
      0.1967755742
      0.2018238486
      0.1773633574
     -0.1183866631
      0.0905067046
      0.0960750594
     -0.1517442034
      0.1877760692
      0.0804105508
      0.0218990791
     -0.2239641349
     -0.0755669259
     -0.1245886317
      0.2355811042
      0.1206985757
      0.1064176425
     -0.2211101143
      0.0114762484
      0.1349905362
     -0.0046116642
      0.2561889904
      0.1614977958
      0.0324522656
      0.0406618456
      0.0142935615
      0.1721248942
     -0.0505410340
     -0.0636269191
     -0.1702162392
      0.2266356794
      0.3098659026
      0.2280619619
     -0.2279622008
      0.1622414304
      0.1473823651
     -0.0483501728
     -0.2496829277
      0.0820911960
     -0.2675610264
     -0.2468826564
      0.1755176498
      0.1106295212
     -0.2692119807
      0.2607300852
     -0.2890021059
     -0.2703276006
      0.2289415643
     -0.2818992112
     -0.1977984896
      0.2918454943
     -0.1873812423
      0.0638307456
      0.1002293906
     -0.1264270143
      0.1671804496
      0.0345910853
      0.0441841819
      0.1856195623
     -0.1093782059
     -0.2253593326
      0.2480807936
      0.1555341669
      0.2990492436
     -0.2121498799
     -0.2407196079
     -0.1765065748
     -0.3415436110
     -0.1901439310
     -0.0650720308
      0.2886195615
      0.2463656743
     -0.0184265587
      0.0023334875
      0.2182792611
      0.1558682702
     -0.3318953579
      0.2477880644
      0.0082182577
      0.2766941163
     -0.0403019868
      0.2184092367
      0.0426913898
     -0.0249813774
     -0.1382150583
     -0.1024071218
      0.1275996868
      0.2240793834
      0.0169122739
      0.2662252099
     -0.0058769395
      0.0110678008
     -0.2938670963
      0.0804528760
     -0.2523208088
     -0.1888466177
      0.1755644318
     -0.1796720474
     -0.0426804184
      0.3092382872
     -0.2223628966
     -0.1096250452
      0.2264708347
      0.1380695356
     -0.0350471923
     -0.1629743940
      0.2389006772
      0.1400380158
     -0.1040041797
     -0.2296336874
     -0.1296546114
     -0.2890316750
      0.1069578392
     -0.1452230982
     -0.1130992463
      0.3575016355
     -0.0267402695
     -0.0037680951
      0.2730393392
      0.2727429432
     -0.0310958478
     -0.1010676901
     -0.1749698388
      0.0681943413
      0.0340653160
      0.1950291318
     -0.2516484948
      0.2952456033
     -0.1635950015
      0.0808936466
      0.0586472440
      0.2224127859
      0.0607710536
      0.3232221235
     -0.1857248393
     -0.0029593777
     -0.0817436163
      0.2182013768
     -0.2001825060
      0.2804662137
     -0.1968916750
     -0.2021294816
     -0.0578770653
     -0.0733343842
     -0.0622215740
     -0.0853985603
     -0.2643044622
      0.0310084282
     -0.0562867162
     -0.4219354032
     -0.0993494527
      0.1297950832
     -0.2434932245
      0.2686147561
      0.2400704169
      0.2522234018
      0.3436443127
     -0.0137082816
      0.2136982840
      0.2656606895
      0.3038543729
      0.0253886394
     -0.0981633281
     -0.2240665017
      0.1289605241
     -0.1032356680
     -0.1174313510
     -0.2179400871
     -0.2084899551
      0.1785035529
     -0.2924366610
      0.0619631626
     -0.0884638356
     -0.0118853661
      0.0060685128
     -0.0090050057
     -0.0071182472
      0.3635792094
      0.9841752352
     -0.1271738108
     -0.2704714625
     -1.1012695169
     -0.9495487211
     -0.1091092575
     -1.0288330895
     -0.4970173427
     -0.5520401624
      0.0827727459
      1.2308523404
      0.1606826984
      0.6353319380
      0.5481891872
     -0.2661472098
     -0.6190983226
     -0.0984871479
      0.4400022314
      1.0880919644
     -0.3141048640
     -0.5929659902
      1.0964277028
      1.0342750371
     -0.3344465369
      0.5831520594
      0.2047588605
     -0.0709985102
     -0.2854735151
     -0.5572770305
     -0.4767431129
      0.2643386957
     -0.3219392175
      0.4485143811
     -0.2874037460
      0.0919780591
     -0.6487446688
      0.0129500113
      0.1260100007
     -0.2837208499
     -0.1369256670
     -1.1460486258
      0.6986262442
     -0.2014291859
      0.3571060640
     -0.2477201651
     -0.0162053404
     -0.1041442868
     -0.0006803932
      0.4121855159
     -0.3350946938
     -0.5410904660
      0.0227433607
      0.3971427047
     -0.5911073615
     -0.1345110968
      0.4638018060
      0.2540105853
      0.5978495003
      0.2435216667
      0.4617649982
      1.0947419323
     -0.6655644668
     -0.0952132672
     -0.1860689984
     -0.3841721080
     -0.1463664842
     -0.3279873038
      1.0419477920
     -0.6864134528
     -0.2564145428
     -0.2082988881
      0.5941016975
      0.0890660542
     -0.0402696543
      0.3609358087
     -0.7971560950
      0.3373793793
     -0.7691583495
      0.1612553186
      0.3259591522
      0.2213950735
      0.3562440240
      0.2188227828
      0.2540929414
      0.5100345322
     -0.2910996026
     -0.8156614490
      0.7479333501
     -0.9386136525
      0.2933638026
      0.8046720028
      0.0997370047
     -0.0542657042
     -0.4792300103
      0.1402030010
     -0.1784803418
      0.0446060582
      0.0506367554
     -0.1610428331
      0.1825677088
     -0.2068770241
     -0.5136296914
     -0.2021471640
      0.0003004441
      0.1145807730
      0.0545014104
      1.4524033934
     -0.2865980850
      0.3060859074
      0.6800139321
      0.6733485395
     -0.5357631939
      0.0686951411
      0.5287714886
      0.1297819674
     -0.2602831537
      0.5306337074
     -0.5373051154
     -0.5843128523
     -0.4490340833
     -0.2310474241
     -0.3211770478
     -0.8344894651
      0.2951425119
     -0.4834358335
     -0.6946262121
      0.3195537412
     -0.4121591979
     -0.2562630074
     -0.3483601560
      1.6493369480
      0.4125398547
     -0.1619028970
     -0.3509052774
     -0.4015829632
      0.5265403260
      0.2035247334
     -0.0586976058
      0.7351359126
      1.1388017339
     -0.5160783855
      0.0064948470
      0.0205797293
      0.8741727519
      0.3200768432
      0.1734617128
      0.3519869837
     -0.4430841472
      0.0166964228
     -0.3476315508
     -0.0376483961
      0.1653741197
     -0.5599400375
      0.0006021412
      0.1373040531
      0.1205156307
     -0.1426113484
     -0.6089586254
     -0.7452291855
      0.3069786684
     -0.4334740718
      0.7735333648
      0.5217478223
     -0.0160536210
     -0.6099940188
     -0.7048683098
     -0.2052953671
      0.8546217627
     -0.0026761127
      0.0490898980
     -0.4016888435
      0.6684298969
      0.5545619437
      0.3653820045
      1.0264038142
     -0.0447525195
      0.2423594486
     -0.6200724316
      0.7984658931
     -0.0601810212
      0.5873021160
     -0.3121514264
     -0.1958024302
      0.3711030915
     -0.6827793455
      0.2080644270
      0.1263192606
     -0.3052753402
     -0.1502638706
     -0.5311356476
      0.0020951527
     -0.5181382066
     -0.4618760589
      0.1004273788
      0.3840468675
      0.4137460271
     -0.0751272971
     -0.0525369728
      0.2919565469
      0.0977706683
     -0.4836404710
      0.2608538006
     -0.2072997192
     -0.0858264723
      1.4467604297
     -0.1424163908
     -0.4437310970
     -0.6779800705
     -0.0926278686
     -0.3401778997
     -0.6006625763
      0.3320305287
     -0.8122580682
     -1.2159274856
      0.3320205089
      0.6566616604
     -0.4560582452
     -0.0736760068
      0.3250908604
     -0.0936004139
      1.0311486733
      0.0179827720
      0.6340923397
     -0.3296992880
     -0.3134356077
     -0.5879075162
      0.3997125432
     -0.1678890295
      0.0094921088
      0.1737666527
      0.2573583068
     -0.1579371416
      0.3059527354
      0.1233104229
     -0.3142178262
     -0.6394791673
     -0.7137545840
     -0.2064624519
     -0.3163774175
     -0.2107916212
      0.2999495832
      0.0147389623
     -0.0346027087
     -0.4205251519
      0.2359666380
     -0.1577799479
     -0.6501927968
     -0.0569113525
     -0.5622090817
     -0.1998970078
     -1.1093790135
     -0.2610614975
     -0.2266461867
     -0.0973492008
      0.0137062047
      0.0097818792
      0.0991845966
      0.0461478701
      0.0983995305
     -0.0171413027
      0.3749410175
     -0.0105936724
     -0.4931533407
      0.0367764706
      0.2728376273
      0.0350415587
      0.3193175570
      0.3046374136
     -0.2145846803
      0.1159732617
     -0.3612060035
      0.7093806888
     -0.3133006460
     -0.1515384447
      0.2370728692
      0.4387601772
     -0.4973745075
     -0.6972046658
     -0.7591582740
      0.6421298946
     -0.6654313177
      0.4766976239
     -0.4205027232
     -0.3751799801
     -0.4620344230
     -0.3576369675
     -0.9647990534
     -0.1204252777
     -0.9764970912
     -0.2677428450
      0.2605866972
      1.0816247974
     -1.0153496409
     -0.1606856283
      0.5564146755
      0.1227547091
     -0.2807299685
      0.1727012002
      1.8266544430
     -0.2183879695
     -1.4648295460
      0.6899450439
      0.4758257908
     -0.0682199516
      0.5455697621
      0.8124359732
      0.3646320239
      0.6614345186
      0.5961784433
      0.4802304418
     -0.1188739157
      0.4918649727
     -1.1419276546
     -0.3679163410
     -0.1237744818
      0.5800010012
     -0.6462922088
     -0.2353173673
      0.3456776084
     -0.0461168877
      0.3964930556
      0.1455030646
      0.8298740429
     -0.3121790343
      0.5351186995
     -0.2379559745
      0.6584876824
      0.5061818580
     -1.0781999466
     -0.0059880733
     -0.0580542259
      0.4438369947
     -1.0137987184
      0.6061744041
     -0.1023014873
      0.5307805716
     -0.3491946368
      0.1559191171
     -0.0059304534
     -0.0974358250
      0.3394399834
      0.8566368064
      0.7723223799
      0.8078319974
      0.3134001841
      0.1025701614
     -0.3395486902
      0.0722162781
     -0.2694509714
     -0.1740099839
     -0.2703671411
      1.1326151262
     -0.4880872216
      0.1348039700
     -0.3780086076
     -0.2932769520
     -0.0611028163
      0.0495833638
     -0.1491499459
     -0.5023507140
     -0.3325789374
     -0.4784310506
     -0.3469028148
      0.3275200120
     -0.5309018454
      0.4739887346
     -0.7353657871
      0.0923197177
     -0.1624361146
     -0.5764049833
     -0.1413508023
     -0.4297630512
     -0.8148782815
     -0.1100372674
     -0.3159463297
     -0.7727735658
     -0.4765543813
      0.5943083235
     -0.2689521820
      0.2538227867
      0.4893539902
     -0.6260484370
     -0.4823751436
      0.4301683829
     -0.2948183272
     -0.2061109045
     -0.1390972906
      0.1664311243
     -0.2152537761
     -0.6039877838
     -0.4966896059
      0.2737516856
      0.6105243021
     -0.0718441629
     -0.8035721056
     -0.2292184617
      0.6527298449
      0.3011337022
     -0.1280883935
     -0.4054881150
      0.1079415941
     -0.2739274689
     -0.5061097308
      0.4360003667
      0.1923083224
     -0.0819450226
     -0.2968587001
     -0.0682427942
     -0.5769915952
     -0.2971870412
     -0.2442118733
     -0.5252028481
      0.2731668136
      0.0195605321
      0.0626774473
      0.1522215313
     -0.6786751197
     -0.5195740018
      0.2598959057
      0.5280975070
     -0.1566260151
     -0.8183937290
      0.6218891832
      0.7678915712
     -0.0842126770
      0.4846773295
      0.1967189968
     -0.5146259316
     -0.7045156918
     -0.3434085770
     -0.4811191521
     -0.0887062098
     -0.4776952122
     -0.4720383035
      0.4948332267
      0.0213679084
     -0.5378004013
     -0.0658157757
      0.0246034061
     -0.6536461893
      0.2588948730
     -1.0908938538
      0.3837178713
     -0.2697017213
     -0.5821939763
      0.6146489268
     -0.1363921561
     -0.1291893864
     -0.1463447091
     -0.4481317871
     -0.7612991484
      0.3426201105
     -0.2642047705
     -0.0984255184
     -0.6153452133
     -0.0702515342
     -0.3098609937
     -0.3379161037
     -0.0312979474
     -0.5586444091
     -0.2238373742
      0.3221849585
      0.0976045152
      0.0027671948
      0.3309069190
      0.5551679657
      0.1667399687
     -0.8824360257
      0.1565597032
     -0.3404736350
      0.3460924593
     -0.3456352271
      0.5627281682
     -0.4230540223
      0.4154805613
     -0.1625027958
     -0.4226903721
     -0.6389366941
     -0.3550768665
      0.0705802580
     -0.0456920102
      0.6556855468
     -0.4385643798
      0.1428969843
      0.3983967077
      0.1772212940
     -0.1130079029
     -0.2915800147
      0.3211072354
     -0.2237656335
     -0.5770229267
     -0.2140121875
      0.6327619797
      0.1865631747
     -0.1300022134
     -0.9126427232
      0.0647055725
      0.0788954010
     -0.2509257690
      0.3697484533
     -0.5623158253
      0.9735191211
      0.2477334559
      0.2731483731
      1.1414936039
      0.2081247056
      0.8137795413
     -0.6965200514
     -0.7461367135
      0.6047732388
     -0.4146880432
      0.1872875271
      0.3645062069
     -0.5052743532
     -0.2601862165
     -0.6334760776
     -1.2680822505
     -0.3085083387
     -0.0362859495
     -0.1737182481
     -0.4901929505
      0.1121505645
      0.1010624759
      0.0277139079
      0.8504227467
     -0.1327641183
     -0.2333015468
      0.5008461597
      0.2835642863
     -0.4619844594
      0.0157487676
     -0.3272482755
      0.4062327585
      0.6012350362
      0.0482503164
      0.6248313892
      0.4699031497
     -0.0406207823
     -0.6688252915
     -0.1725565904
      0.4002164654
     -0.4213912762
     -0.2223650567
      0.2843454964
     -0.8011003402
      0.1272072182
     -0.1440836912
     -0.5035437825
      0.3663822733
      0.0358234595
     -0.1605600965
      0.6007062932
      0.3423367796
      0.4910141020
     -0.1073056922
      0.0312514929
     -0.8367430531
      0.6348023633
     -0.1398751897
      0.5966809248
     -0.5138080864
      0.3166931025
     -0.6859240487
      0.5937701488
     -0.5107417331
      0.3376828147
      0.3851951246
      0.0830252801
      0.1963157538
      0.3058527952
      0.1756401253
     -0.1207571250
      0.6413319801
      0.7774729121
      0.9340085595
      0.5737068944
      0.4472564692
     -0.2515086923
      0.2775580356
      0.8263591789
     -0.4467641502
      0.7541699279
     -0.9094588859
      0.4603777757
     -0.0345215336
      0.1195821851
      0.3430630008
      0.0460931943
     -0.3429012158
      0.1259709211
     -0.1314842506
     -0.1634963106
     -0.2520764539
     -0.1188047087
     -0.1075439139
     -0.2424119591
      0.2048718626
     -0.3515914013
     -1.6411056112
     -0.5794575338
     -0.6971531288
     -0.3671010596
      1.0904749044
      1.4714618663
      0.4021640108
      0.2885951154
      0.1201623202
      1.2185407174
     -0.6355926527
      0.2698345193
     -1.3593490990
      0.0923422196
     -0.1602105816
     -0.3057544529
     -0.3111959215
      0.8956441083
      1.1189169147
      0.3436544136
      0.9423684652
      0.2927693617
      1.1615238614
      0.1877397712
     -0.0232991562
      0.0944921300
      0.0845602331
     -0.1334166818
      0.0050971027
      0.1360372653
     -0.0330215086
     -0.1748647360
      0.0806613422
      0.1469619534
     -0.0204106986
     -0.0241194033
      0.3431245549
     -0.0631055039
     -0.1550521901
     -0.0319155575
     -0.1489950365
      0.2826119572
      0.1651968167
     -0.0546141630
      0.0293136504
      0.0366380345
      0.0444026249
      0.1493445831
     -0.3938683033
