################################################################################
# Neural network connection values (weights and biases).
################################################################################
# Col  Name       Description
################################################################################
# 1    connection Neural network connection value.
# 2    t          Connection type (a = weight, b = bias).
# 3    index      Index enumerating weights.
# 4    l_s        Starting point layer (end point layer for biases).
# 5    n_s        Starting point neuron in starting layer (end point neuron for biases).
# 6    l_e        End point layer.
# 7    n_e        End point neuron in end layer.
################################################################################
#                      1 2         3     4     5     6     7
#             connection t     index   l_s   n_s   l_e   n_e
############################################################
  1.3838495367160030E+01 a         1     0     1     1     1
  7.9084003611873515E+00 a         2     0     1     1     2
 -1.0788353199394559E+01 a         3     0     1     1     3
  6.9213241811106085E-01 a         4     0     1     1     4
 -2.0094188988578111E+01 a         5     0     1     1     5
  2.7056201972713989E+00 a         6     0     1     1     6
 -1.9928258614149037E+01 a         7     0     1     1     7
  1.2458867011131294E+00 a         8     0     1     1     8
  1.3762796807473938E+00 a         9     0     1     1     9
 -8.6707010072309720E-01 a        10     0     1     1    10
  1.4691595911505431E+01 a        11     0     1     1    11
  2.0177367647742694E+00 a        12     0     1     1    12
 -1.2605229421865447E+01 a        13     0     1     1    13
  1.9999542092386555E+01 a        14     0     1     1    14
 -7.9109735045546206E+00 a        15     0     1     1    15
  7.2629979654303123E-01 a        16     0     1     1    16
  5.6302789936873507E+00 a        17     0     1     1    17
  5.0278062800510637E-01 a        18     0     1     1    18
 -5.0310112327261314E-01 a        19     0     1     1    19
 -5.5572617212462116E+00 a        20     0     1     1    20
  9.6800460038349865E+00 a        21     0     1     1    21
  1.1507429464942231E+01 a        22     0     1     1    22
  9.7808090788597504E+00 a        23     0     1     1    23
 -8.9144438567522855E+00 a        24     0     1     1    24
  9.0223140652035632E+00 a        25     0     2     1     1
  8.5002166071488876E+00 a        26     0     2     1     2
 -1.3400254073828652E+00 a        27     0     2     1     3
 -2.5929338196906695E+00 a        28     0     2     1     4
 -5.4692393760666658E+00 a        29     0     2     1     5
 -6.1105008498980222E+00 a        30     0     2     1     6
  1.8407343522221573E+00 a        31     0     2     1     7
 -7.6645840343833954E-02 a        32     0     2     1     8
  2.6905187105764516E-01 a        33     0     2     1     9
  3.1566425251875354E+00 a        34     0     2     1    10
  2.6294306455546628E+00 a        35     0     2     1    11
  3.9594133448297575E-01 a        36     0     2     1    12
 -1.7268156258679715E-01 a        37     0     2     1    13
 -7.0942423776004819E+00 a        38     0     2     1    14
 -3.6014974047779926E+00 a        39     0     2     1    15
 -4.3869004199709549E-01 a        40     0     2     1    16
 -7.9662989936770394E+00 a        41     0     2     1    17
 -4.5125161326284795E+00 a        42     0     2     1    18
 -1.3532030160040420E-01 a        43     0     2     1    19
  3.8546279249398459E+00 a        44     0     2     1    20
  6.4704741443474205E+00 a        45     0     2     1    21
 -3.0488571612163837E+00 a        46     0     2     1    22
 -3.8935711159631721E+00 a        47     0     2     1    23
  4.6884969050139755E+00 a        48     0     2     1    24
 -3.4987595228764832E+00 a        49     0     3     1     1
 -2.1320075268560519E+00 a        50     0     3     1     2
  1.3017890335069287E+01 a        51     0     3     1     3
 -5.8699665051523722E+00 a        52     0     3     1     4
 -3.7514577159058629E+00 a        53     0     3     1     5
 -8.0262200754852220E+00 a        54     0     3     1     6
 -6.6197082153148727E+00 a        55     0     3     1     7
  3.6503217241786667E+00 a        56     0     3     1     8
  7.0945040087871174E+00 a        57     0     3     1     9
  5.1118281572160678E+00 a        58     0     3     1    10
 -2.4357671398701815E+00 a        59     0     3     1    11
  7.8418436887656338E+00 a        60     0     3     1    12
 -3.9795737685495305E+00 a        61     0     3     1    13
  6.2572823393299064E+00 a        62     0     3     1    14
 -3.3704163560045148E+00 a        63     0     3     1    15
  3.3414043571663012E+00 a        64     0     3     1    16
 -2.2146555875014671E+00 a        65     0     3     1    17
 -5.5810484773354982E+00 a        66     0     3     1    18
  5.5473555136608086E+00 a        67     0     3     1    19
 -2.7402188510200451E+00 a        68     0     3     1    20
  4.6844954106863632E+00 a        69     0     3     1    21
 -8.3991305944651931E+00 a        70     0     3     1    22
 -9.0562344966321340E-01 a        71     0     3     1    23
 -6.6638240334135261E+00 a        72     0     3     1    24
 -1.5243495364952540E+01 a        73     0     4     1     1
 -6.9768203919614358E+00 a        74     0     4     1     2
  7.1666071075096767E+00 a        75     0     4     1     3
 -3.8626658167676555E+00 a        76     0     4     1     4
  1.6329691357408084E+01 a        77     0     4     1     5
 -6.6766259773702581E+00 a        78     0     4     1     6
  1.8688851928166994E+01 a        79     0     4     1     7
  1.6092872068244735E-01 a        80     0     4     1     8
 -3.2484283070767526E+00 a        81     0     4     1     9
  2.4700549097114268E+00 a        82     0     4     1    10
 -1.2091212657995356E+01 a        83     0     4     1    11
  1.3615038680450688E+00 a        84     0     4     1    12
  1.2625009925045898E+01 a        85     0     4     1    13
 -2.1664924133179724E+01 a        86     0     4     1    14
  5.1104980965325524E+00 a        87     0     4     1    15
  2.2123015241118185E+00 a        88     0     4     1    16
 -6.0872370755949108E+00 a        89     0     4     1    17
 -1.5983286310478215E+00 a        90     0     4     1    18
 -4.6759851159054744E+00 a        91     0     4     1    19
  5.3602339894765807E+00 a        92     0     4     1    20
 -8.2768909078624464E+00 a        93     0     4     1    21
 -1.2669548805711871E+01 a        94     0     4     1    22
 -9.5138501674225520E+00 a        95     0     4     1    23
  2.3628351947456809E+00 a        96     0     4     1    24
 -8.7971588008897541E+00 a        97     0     5     1     1
 -1.0419624010764656E+01 a        98     0     5     1     2
  9.4338299024046890E-01 a        99     0     5     1     3
 -1.9317983067509572E+00 a       100     0     5     1     4
  5.9489346275792814E+00 a       101     0     5     1     5
  3.7582571858514866E+00 a       102     0     5     1     6
 -6.4932515076431327E+00 a       103     0     5     1     7
  2.0442637336802583E+00 a       104     0     5     1     8
 -6.4616060704534162E-01 a       105     0     5     1     9
 -2.1792308199898089E+00 a       106     0     5     1    10
 -1.3414239206973759E+00 a       107     0     5     1    11
 -1.1375494633547254E+00 a       108     0     5     1    12
  1.4178515849529385E+00 a       109     0     5     1    13
  5.5843305257491727E+00 a       110     0     5     1    14
  4.1610487502873417E+00 a       111     0     5     1    15
  1.0240748947734812E+00 a       112     0     5     1    16
  5.8572247420060881E+00 a       113     0     5     1    17
  3.7393990856019741E+00 a       114     0     5     1    18
 -2.5307218236624114E+00 a       115     0     5     1    19
 -5.8983238868860690E+00 a       116     0     5     1    20
 -6.6060319960996940E+00 a       117     0     5     1    21
  1.1995863735989210E+00 a       118     0     5     1    22
  4.8267584633751834E+00 a       119     0     5     1    23
 -6.9048700141981971E+00 a       120     0     5     1    24
  3.4030264229007869E+00 a       121     0     6     1     1
  7.2661084618777361E-01 a       122     0     6     1     2
 -6.9814675281767147E-01 a       123     0     6     1     3
  1.0809843571225950E+00 a       124     0     6     1     4
 -9.7317861392914984E-01 a       125     0     6     1     5
  1.5936368207924012E+00 a       126     0     6     1     6
 -3.4913229254988924E+00 a       127     0     6     1     7
 -7.0453809424773728E-01 a       128     0     6     1     8
  1.9685235422273364E+00 a       129     0     6     1     9
 -1.4323295877254461E+00 a       130     0     6     1    10
  1.2891630574049644E+00 a       131     0     6     1    11
 -1.9118825480971029E+00 a       132     0     6     1    12
 -2.0807490384601151E+00 a       133     0     6     1    13
  3.6136849752064397E+00 a       134     0     6     1    14
  6.8889050011636990E-02 a       135     0     6     1    15
 -2.0680304679268859E+00 a       136     0     6     1    16
  1.3714013961602372E+00 a       137     0     6     1    17
 -8.2953451326811492E-02 a       138     0     6     1    18
  2.1992669609160029E+00 a       139     0     6     1    19
 -1.4027488836896167E+00 a       140     0     6     1    20
  2.1911911473015500E+00 a       141     0     6     1    21
  2.5364350361263743E+00 a       142     0     6     1    22
  2.4949740835569756E+00 a       143     0     6     1    23
  9.0678285066017728E-01 a       144     0     6     1    24
  1.2843779928675718E+00 a       145     0     7     1     1
  1.8561936762833449E+00 a       146     0     7     1     2
 -5.1689495735071631E+00 a       147     0     7     1     3
  1.3759028229738526E+00 a       148     0     7     1     4
  2.3560429676127472E+00 a       149     0     7     1     5
  2.1131460743465404E+00 a       150     0     7     1     6
  2.9089803009613093E+00 a       151     0     7     1     7
 -4.8440786818061472E-02 a       152     0     7     1     8
 -3.6977878718928352E+00 a       153     0     7     1     9
 -3.0291984457352044E+00 a       154     0     7     1    10
  7.7459176791253559E-01 a       155     0     7     1    11
 -4.0084798768002381E+00 a       156     0     7     1    12
  1.7849118562848911E+00 a       157     0     7     1    13
 -2.9223689904084211E+00 a       158     0     7     1    14
  2.9792699211184397E+00 a       159     0     7     1    15
 -2.3519990148875736E+00 a       160     0     7     1    16
 -1.0247917199268342E+00 a       161     0     7     1    17
  2.1546396434183150E+00 a       162     0     7     1    18
 -2.3001930526462533E+00 a       163     0     7     1    19
  1.6509771252265357E-01 a       164     0     7     1    20
 -4.0311415334400085E+00 a       165     0     7     1    21
  2.3319852921566544E+00 a       166     0     7     1    22
 -3.7916045268406612E-01 a       167     0     7     1    23
 -2.1096533532992545E-01 a       168     0     7     1    24
  3.6254740376286114E+00 a       169     0     8     1     1
  5.2207081692708153E+00 a       170     0     8     1     2
  2.4705176690590473E+00 a       171     0     8     1     3
  2.9346032916931848E+00 a       172     0     8     1     4
 -2.1857560480721929E+00 a       173     0     8     1     5
 -1.2906951250669039E+00 a       174     0     8     1     6
  1.6867983953321304E+00 a       175     0     8     1     7
 -5.3257091276034541E-01 a       176     0     8     1     8
  1.9713186808184791E+00 a       177     0     8     1     9
 -1.9194150506141245E+00 a       178     0     8     1    10
 -1.5087709836364593E+00 a       179     0     8     1    11
 -2.4146616592954948E+00 a       180     0     8     1    12
 -1.5786091637198123E+00 a       181     0     8     1    13
 -5.8879909198229834E+00 a       182     0     8     1    14
 -8.1383279533566000E-01 a       183     0     8     1    15
 -2.2238501886986453E+00 a       184     0     8     1    16
 -3.8050416708427814E+00 a       185     0     8     1    17
  1.3625650829468536E-01 a       186     0     8     1    18
  2.9047678935392365E+00 a       187     0     8     1    19
  3.8212998216687319E+00 a       188     0     8     1    20
  1.0279586447123434E+00 a       189     0     8     1    21
 -4.9857172883119277E-01 a       190     0     8     1    22
 -1.6480655288071291E-01 a       191     0     8     1    23
  4.1397369477569468E+00 a       192     0     8     1    24
 -1.5082352621859108E+01 a       193     0     9     1     1
 -2.8239581831565985E-01 a       194     0     9     1     2
  1.1738315967258773E+01 a       195     0     9     1     3
  1.9023063988617044E+00 a       196     0     9     1     4
  9.8635814633638788E+00 a       197     0     9     1     5
  3.9021353786981563E+00 a       198     0     9     1     6
  1.0337900264081251E+01 a       199     0     9     1     7
 -2.6864285905766403E+00 a       200     0     9     1     8
 -3.8937086880313285E+00 a       201     0     9     1     9
 -8.1613483740457049E+00 a       202     0     9     1    10
  1.1177453763987104E+00 a       203     0     9     1    11
 -2.8085473294482139E+00 a       204     0     9     1    12
  4.7655149514933868E+00 a       205     0     9     1    13
  6.8045511006929527E+00 a       206     0     9     1    14
  2.1507991444978479E+01 a       207     0     9     1    15
  1.2850788891108229E+00 a       208     0     9     1    16
 -3.0791446093619501E+00 a       209     0     9     1    17
 -2.1418787559824048E+00 a       210     0     9     1    18
  1.2567153144361118E+01 a       211     0     9     1    19
  2.3397886743847498E+00 a       212     0     9     1    20
 -2.0711048507332332E+00 a       213     0     9     1    21
  5.5222893953283068E+00 a       214     0     9     1    22
 -2.3433555214616074E+01 a       215     0     9     1    23
 -2.9398838330279746E+00 a       216     0     9     1    24
 -1.3460305738985332E+01 a       217     0    10     1     1
  1.2806557096026745E+01 a       218     0    10     1     2
 -7.4950369986302485E+00 a       219     0    10     1     3
  6.1718676296372923E+00 a       220     0    10     1     4
 -1.2171301455640561E+01 a       221     0    10     1     5
 -7.4254418302216640E+00 a       222     0    10     1     6
  3.7917660057035235E+01 a       223     0    10     1     7
 -8.0734958030111805E+00 a       224     0    10     1     8
 -2.0850155909759373E+01 a       225     0    10     1     9
 -1.4764060600733099E+01 a       226     0    10     1    10
 -8.1341808396844861E+00 a       227     0    10     1    11
  2.3990446508056277E+01 a       228     0    10     1    12
  1.6026562928778127E+01 a       229     0    10     1    13
  1.7224002833623619E+01 a       230     0    10     1    14
  1.7757656352307674E+01 a       231     0    10     1    15
  1.2307326814373724E+01 a       232     0    10     1    16
  1.3497690924265859E+01 a       233     0    10     1    17
 -1.4234676337817538E+00 a       234     0    10     1    18
  9.5862544613625333E-01 a       235     0    10     1    19
 -1.7705843163457928E+00 a       236     0    10     1    20
  1.2874024868143310E+01 a       237     0    10     1    21
  2.3745193040091493E+01 a       238     0    10     1    22
  4.9725588504050240E+00 a       239     0    10     1    23
 -2.4801909375882040E+01 a       240     0    10     1    24
  4.6361219913115734E+00 a       241     0    11     1     1
 -2.3646397309965629E+01 a       242     0    11     1     2
 -2.1504307569416873E+01 a       243     0    11     1     3
 -1.4590742762947279E+01 a       244     0    11     1     4
  8.3400769797802159E+00 a       245     0    11     1     5
 -9.9604990383735164E+00 a       246     0    11     1     6
 -5.6265624749354588E+00 a       247     0    11     1     7
 -3.0193151086654328E+01 a       248     0    11     1     8
 -1.4290611939438497E+01 a       249     0    11     1     9
  2.4874096735806863E+00 a       250     0    11     1    10
  1.5198246028452846E+01 a       251     0    11     1    11
  6.6364221043957095E+00 a       252     0    11     1    12
  2.3366899401166876E+01 a       253     0    11     1    13
  6.6194692098191688E-01 a       254     0    11     1    14
 -2.4195119036023243E+01 a       255     0    11     1    15
  1.4209150544024910E+01 a       256     0    11     1    16
  1.7494399692859812E+01 a       257     0    11     1    17
  1.9973111482585093E+01 a       258     0    11     1    18
  8.6917949442072029E+00 a       259     0    11     1    19
  4.0329123832815171E+01 a       260     0    11     1    20
 -7.3562930948979233E+00 a       261     0    11     1    21
  9.3761970706732667E-01 a       262     0    11     1    22
  1.2627024319248742E+01 a       263     0    11     1    23
  2.1332250413987474E+01 a       264     0    11     1    24
  3.6807945349826944E+01 a       265     0    12     1     1
  1.0258709111119003E+01 a       266     0    12     1     2
 -2.9298675318746174E+01 a       267     0    12     1     3
  3.2689636481717280E+01 a       268     0    12     1     4
 -2.7567443737798434E+00 a       269     0    12     1     5
  2.0023848868991234E+01 a       270     0    12     1     6
 -1.2062995291602630E+00 a       271     0    12     1     7
  6.3322473753596320E+00 a       272     0    12     1     8
  3.1319731817425858E+01 a       273     0    12     1     9
 -3.6804290753604789E+01 a       274     0    12     1    10
 -4.9141176391960171E+00 a       275     0    12     1    11
 -1.1424281233305436E+00 a       276     0    12     1    12
  1.8943415112740887E+01 a       277     0    12     1    13
 -7.1201835582827533E+00 a       278     0    12     1    14
  2.0777587219143442E+01 a       279     0    12     1    15
  3.8329891393658286E+00 a       280     0    12     1    16
 -3.1561693851090546E+01 a       281     0    12     1    17
  9.4142069757633839E-01 a       282     0    12     1    18
 -2.2133722014274433E+01 a       283     0    12     1    19
  8.6275443298866321E+00 a       284     0    12     1    20
  1.2901349263299965E+01 a       285     0    12     1    21
 -1.7148518685098583E+01 a       286     0    12     1    22
 -1.9719766613777729E+01 a       287     0    12     1    23
 -1.1710776864882172E+01 a       288     0    12     1    24
 -6.3555082775823599E-02 a       289     0    13     1     1
  1.5966196179928756E+01 a       290     0    13     1     2
 -3.6288629900402887E+00 a       291     0    13     1     3
 -2.9304393856230768E+00 a       292     0    13     1     4
 -8.2112827800886246E-01 a       293     0    13     1     5
 -1.0888634696577917E+01 a       294     0    13     1     6
  8.9777369608513879E+00 a       295     0    13     1     7
  7.7213052436900593E+00 a       296     0    13     1     8
 -6.3490355100589850E+00 a       297     0    13     1     9
  3.2282722294494812E+00 a       298     0    13     1    10
 -1.1365265030362950E+01 a       299     0    13     1    11
 -1.3245403723024303E+01 a       300     0    13     1    12
  3.8821679580929676E+01 a       301     0    13     1    13
  8.8094408158084581E-01 a       302     0    13     1    14
  1.4400173199640808E+01 a       303     0    13     1    15
  2.8118037428949405E+00 a       304     0    13     1    16
  9.1164721053531803E+00 a       305     0    13     1    17
 -1.0609616317446513E+01 a       306     0    13     1    18
 -6.8170071543763544E-01 a       307     0    13     1    19
  1.2134443563872637E+01 a       308     0    13     1    20
  7.5301490669810427E+00 a       309     0    13     1    21
  2.7130061713010329E+00 a       310     0    13     1    22
 -7.4275494057172917E+00 a       311     0    13     1    23
  8.5860079550196922E+00 a       312     0    13     1    24
 -4.2164034150477052E+00 a       313     0    14     1     1
  9.8489041133682527E+00 a       314     0    14     1     2
 -1.0864558922742282E+00 a       315     0    14     1     3
 -3.6292524776546822E+00 a       316     0    14     1     4
 -1.6562026756144046E+01 a       317     0    14     1     5
 -1.1292988828746449E+01 a       318     0    14     1     6
  6.1143072911588012E+00 a       319     0    14     1     7
 -7.4215113548925036E+00 a       320     0    14     1     8
 -3.2916728373766544E+00 a       321     0    14     1     9
  1.0052079427286316E+00 a       322     0    14     1    10
  6.2426781122404060E+00 a       323     0    14     1    11
 -1.1863852512558580E+01 a       324     0    14     1    12
 -7.6452743727715271E+00 a       325     0    14     1    13
 -1.7943389988693621E+01 a       326     0    14     1    14
  5.1143709276689719E+00 a       327     0    14     1    15
  5.0723736558599057E+00 a       328     0    14     1    16
 -2.0083275951526067E+00 a       329     0    14     1    17
 -3.0254869629356068E-01 a       330     0    14     1    18
  3.7526399385529796E+00 a       331     0    14     1    19
  3.9122276324741265E+00 a       332     0    14     1    20
  2.9484597618364985E+00 a       333     0    14     1    21
  1.2792297891896133E+01 a       334     0    14     1    22
  4.0200342998161558E+00 a       335     0    14     1    23
  3.8410090005515563E+00 a       336     0    14     1    24
  4.0011228924041013E+01 a       337     0    15     1     1
  1.2804828157810643E+01 a       338     0    15     1     2
 -3.8097332016457827E+01 a       339     0    15     1     3
  3.2300666867632629E+01 a       340     0    15     1     4
  5.2083128523422253E+01 a       341     0    15     1     5
  8.8214994240475484E+00 a       342     0    15     1     6
  4.0702937114014706E+00 a       343     0    15     1     7
 -1.0565955557347687E+01 a       344     0    15     1     8
  1.0055795583293555E+01 a       345     0    15     1     9
 -3.3626349063724405E+01 a       346     0    15     1    10
  5.6137653920738604E+00 a       347     0    15     1    11
  9.1598060557708916E-01 a       348     0    15     1    12
  2.6525910912148994E+01 a       349     0    15     1    13
 -3.7495928437278487E+00 a       350     0    15     1    14
 -3.3540683411950485E+00 a       351     0    15     1    15
 -4.4212876819609633E+01 a       352     0    15     1    16
 -6.1494914596245023E+00 a       353     0    15     1    17
  7.3240814870494626E+00 a       354     0    15     1    18
 -1.8274224183589471E+01 a       355     0    15     1    19
  7.5112537128285117E+00 a       356     0    15     1    20
  6.8377010131294291E+00 a       357     0    15     1    21
  1.7844972530158095E+01 a       358     0    15     1    22
 -3.4416532468108807E+00 a       359     0    15     1    23
 -6.1748269583913835E+00 a       360     0    15     1    24
 -1.2475796271101938E+00 a       361     0    16     1     1
 -1.0317539012023999E-01 a       362     0    16     1     2
  2.2966578438619454E+00 a       363     0    16     1     3
 -6.7418815172824509E+00 a       364     0    16     1     4
 -2.2419513187367870E+00 a       365     0    16     1     5
 -3.2549666974808109E+00 a       366     0    16     1     6
 -1.4532260317639270E+00 a       367     0    16     1     7
  9.5782497507320541E-01 a       368     0    16     1     8
  1.6298017823853417E+00 a       369     0    16     1     9
  3.1084913829170344E+00 a       370     0    16     1    10
 -3.6487520653440408E+00 a       371     0    16     1    11
 -3.3537588289419875E+00 a       372     0    16     1    12
  2.5596067832524905E+00 a       373     0    16     1    13
 -9.8429980331386002E-01 a       374     0    16     1    14
  2.8880815295805076E+00 a       375     0    16     1    15
  3.1777057287232502E+00 a       376     0    16     1    16
 -6.0973124086295138E-01 a       377     0    16     1    17
 -2.0273826083652131E+00 a       378     0    16     1    18
  2.8527154944845812E+00 a       379     0    16     1    19
 -1.3050553276792068E-01 a       380     0    16     1    20
  3.9696250940072395E+00 a       381     0    16     1    21
 -5.6090691639418933E-01 a       382     0    16     1    22
 -1.5450291068003200E-01 a       383     0    16     1    23
 -3.6158900934722213E+00 a       384     0    16     1    24
 -5.9640171884130702E+00 a       385     0    17     1     1
 -1.9832384118106874E+00 a       386     0    17     1     2
  3.9735375599731415E+00 a       387     0    17     1     3
 -7.4039664717761056E-01 a       388     0    17     1     4
 -9.8561852654552613E+00 a       389     0    17     1     5
 -2.7886083312331267E+00 a       390     0    17     1     6
  1.4093261416726031E+00 a       391     0    17     1     7
 -4.6531420238313670E+00 a       392     0    17     1     8
  4.7728315468523403E+00 a       393     0    17     1     9
  1.3471080984085475E+00 a       394     0    17     1    10
  6.3667096581850702E-01 a       395     0    17     1    11
 -3.9458440905704619E+00 a       396     0    17     1    12
 -6.0613234115942696E+00 a       397     0    17     1    13
 -1.2719423517044296E+01 a       398     0    17     1    14
  6.5528425902414398E+00 a       399     0    17     1    15
  2.1369198931225022E-01 a       400     0    17     1    16
 -4.3882194657729388E+00 a       401     0    17     1    17
  5.5297362239637442E+00 a       402     0    17     1    18
  4.6832523056128634E+00 a       403     0    17     1    19
  3.6760562083677470E+00 a       404     0    17     1    20
  2.4278786656691915E+00 a       405     0    17     1    21
  9.5629929732578578E+00 a       406     0    17     1    22
  6.9225396062058131E+00 a       407     0    17     1    23
  1.5610509590311468E+00 a       408     0    17     1    24
  7.1690400897816997E-01 a       409     0    18     1     1
  3.7885964671835062E+00 a       410     0    18     1     2
 -3.3466957658656367E+00 a       411     0    18     1     3
  4.0418716291102372E+00 a       412     0    18     1     4
  8.6523203748395243E+00 a       413     0    18     1     5
 -3.1628727111255253E+00 a       414     0    18     1     6
  6.9588656610503961E+00 a       415     0    18     1     7
 -1.8926062450317733E+00 a       416     0    18     1     8
  7.2027590189988846E+00 a       417     0    18     1     9
 -3.7052046398320282E-01 a       418     0    18     1    10
  1.1578066219941328E+00 a       419     0    18     1    11
  4.8275609042918859E+00 a       420     0    18     1    12
  3.4594982040351123E+00 a       421     0    18     1    13
 -3.0082306172935795E+00 a       422     0    18     1    14
 -1.6688570403112446E+00 a       423     0    18     1    15
 -5.0424114524544317E+00 a       424     0    18     1    16
  2.0544277640348416E+00 a       425     0    18     1    17
  1.4645878632247937E+00 a       426     0    18     1    18
  1.4416540132485591E+00 a       427     0    18     1    19
  3.8744779919668999E+00 a       428     0    18     1    20
  3.2414206979716971E+00 a       429     0    18     1    21
 -6.2640243061016934E+00 a       430     0    18     1    22
 -4.2507441516189086E+00 a       431     0    18     1    23
 -3.5332855113322732E+00 a       432     0    18     1    24
  2.1597343965836124E+01 a       433     0    19     1     1
 -1.7537766583349939E+01 a       434     0    19     1     2
 -2.9376126807913945E+00 a       435     0    19     1     3
  9.0782103234194498E+00 a       436     0    19     1     4
 -2.7273434701153126E-01 a       437     0    19     1     5
 -3.9928949093347854E+00 a       438     0    19     1     6
 -2.7218281292666902E+00 a       439     0    19     1     7
  1.7021590188755120E+00 a       440     0    19     1     8
  2.1201814724196190E+01 a       441     0    19     1     9
  6.2261551686954171E+00 a       442     0    19     1    10
 -2.0563305338489027E+01 a       443     0    19     1    11
  1.0108860458641525E+01 a       444     0    19     1    12
  6.0901236588989338E+00 a       445     0    19     1    13
 -2.4132610603973689E+01 a       446     0    19     1    14
 -4.0952999874983853E+01 a       447     0    19     1    15
 -1.0863048337699798E+01 a       448     0    19     1    16
 -2.8574820796671468E-01 a       449     0    19     1    17
  6.2672644302048948E+00 a       450     0    19     1    18
 -2.3426518208661488E+01 a       451     0    19     1    19
  6.2489704472190484E+00 a       452     0    19     1    20
 -7.0005102289075605E-01 a       453     0    19     1    21
 -1.2612735031115060E+01 a       454     0    19     1    22
  4.1391406018390825E+01 a       455     0    19     1    23
  2.0639876164809777E+01 a       456     0    19     1    24
  2.4511182085340081E+01 a       457     0    20     1     1
 -5.8070585877808597E+01 a       458     0    20     1     2
  2.7464363407009486E+01 a       459     0    20     1     3
 -1.5833779239368166E+01 a       460     0    20     1     4
  5.6708836339904501E+01 a       461     0    20     1     5
  3.4622479233971880E+01 a       462     0    20     1     6
 -7.4610397112126492E+01 a       463     0    20     1     7
  2.9867827138516908E+01 a       464     0    20     1     8
  5.4966938908563591E+01 a       465     0    20     1     9
  2.0363319444270079E+01 a       466     0    20     1    10
  1.0754177732388781E+01 a       467     0    20     1    11
 -1.4970799695834703E+01 a       468     0    20     1    12
 -2.8176845325110030E+01 a       469     0    20     1    13
 -1.7303747738672617E+00 a       470     0    20     1    14
 -4.7662288209332281E+01 a       471     0    20     1    15
 -3.4652142194003268E+01 a       472     0    20     1    16
 -1.7918749452161382E+01 a       473     0    20     1    17
  2.1253077524634598E+00 a       474     0    20     1    18
 -2.0003993857003147E-01 a       475     0    20     1    19
 -8.4110303594101605E+00 a       476     0    20     1    20
 -3.5059320103503374E+01 a       477     0    20     1    21
 -7.4394161628060147E+01 a       478     0    20     1    22
 -2.5010929273973471E+01 a       479     0    20     1    23
  3.9385087558081324E+01 a       480     0    20     1    24
  1.5528663618785702E+01 a       481     0    21     1     1
  5.1988508622522041E+01 a       482     0    21     1     2
  2.3056605338031186E+01 a       483     0    21     1     3
  5.0291085586867695E+01 a       484     0    21     1     4
 -1.0449724160769565E+00 a       485     0    21     1     5
  4.8512402372362260E+01 a       486     0    21     1     6
  2.4526558542774783E+01 a       487     0    21     1     7
  6.2849922398037698E+01 a       488     0    21     1     8
  4.1991916063028931E+01 a       489     0    21     1     9
 -4.2068252410633576E+01 a       490     0    21     1    10
 -3.2359287291287920E+01 a       491     0    21     1    11
 -8.7018374386107062E+00 a       492     0    21     1    12
 -3.8162357768297923E+01 a       493     0    21     1    13
 -7.4596937345927010E+00 a       494     0    21     1    14
  5.7405281375809203E+01 a       495     0    21     1    15
 -6.2135792876433413E+01 a       496     0    21     1    16
 -3.7191465421132328E+01 a       497     0    21     1    17
 -3.1509590444823534E+01 a       498     0    21     1    18
 -3.2906102210781086E+01 a       499     0    21     1    19
 -7.4249372150263198E+01 a       500     0    21     1    20
  1.4435709995072679E+01 a       501     0    21     1    21
  2.3869556601608771E+01 a       502     0    21     1    22
 -2.8581908505172272E+01 a       503     0    21     1    23
 -3.9827937712374414E+01 a       504     0    21     1    24
 -7.2371095719978280E+00 a       505     0    22     1     1
  2.4265448117927635E+00 a       506     0    22     1     2
 -1.4755022772589308E+00 a       507     0    22     1     3
  5.0969310902253495E+00 a       508     0    22     1     4
  3.3263375165157067E+00 a       509     0    22     1     5
  7.7842574710487247E+00 a       510     0    22     1     6
 -2.9680227819990570E+00 a       511     0    22     1     7
 -5.3862862088230736E+00 a       512     0    22     1     8
 -8.0326307274746416E+00 a       513     0    22     1     9
 -6.9275177176100495E+00 a       514     0    22     1    10
  1.3784608785502261E+01 a       515     0    22     1    11
  2.7867218014545343E+00 a       516     0    22     1    12
 -1.4449314487993949E+01 a       517     0    22     1    13
  1.0474780467714581E+01 a       518     0    22     1    14
  1.0456623065622766E+01 a       519     0    22     1    15
 -1.4356830033797257E+00 a       520     0    22     1    16
 -4.5232730682868266E-01 a       521     0    22     1    17
  3.9551030407478867E+00 a       522     0    22     1    18
  6.0923420508738451E+00 a       523     0    22     1    19
 -5.6204221006890780E+00 a       524     0    22     1    20
 -7.5895263932582928E+00 a       525     0    22     1    21
  4.8999553187663896E+00 a       526     0    22     1    22
 -1.1930139133621832E+01 a       527     0    22     1    23
 -8.2630148432965544E+00 a       528     0    22     1    24
 -4.3643876114491732E+01 a       529     0    23     1     1
  1.1811429877962510E+01 a       530     0    23     1     2
  1.4808475360748748E+01 a       531     0    23     1     3
 -2.8181080269457503E+01 a       532     0    23     1     4
 -4.5993474285136076E+00 a       533     0    23     1     5
 -3.1854454783002321E+01 a       534     0    23     1     6
  2.6173365456525531E+01 a       535     0    23     1     7
 -1.2824321950033644E+01 a       536     0    23     1     8
 -6.1611612832294647E+01 a       537     0    23     1     9
  2.8102967452214155E+01 a       538     0    23     1    10
 -5.2802607411437865E+00 a       539     0    23     1    11
  1.8834352729933457E+01 a       540     0    23     1    12
  5.0853394566596188E+00 a       541     0    23     1    13
  2.8857188678809212E+01 a       542     0    23     1    14
 -9.8378190733238142E+00 a       543     0    23     1    15
  5.3423036577337664E+00 a       544     0    23     1    16
  5.1008021152340874E+01 a       545     0    23     1    17
 -7.6968800324958719E+00 a       546     0    23     1    18
  1.7434391177954616E+01 a       547     0    23     1    19
 -1.1146105037773497E+01 a       548     0    23     1    20
 -1.3478463059401513E+00 a       549     0    23     1    21
  3.3800372270907033E+01 a       550     0    23     1    22
  2.5994889493200116E+01 a       551     0    23     1    23
 -1.2305512152749992E+01 a       552     0    23     1    24
 -1.6384554126222064E+01 a       553     0    24     1     1
 -2.5617218229685903E+01 a       554     0    24     1     2
  1.3779680382422697E+00 a       555     0    24     1     3
 -3.3786168152263187E+01 a       556     0    24     1     4
 -2.1899347195069005E+01 a       557     0    24     1     5
 -2.0460688829242351E+01 a       558     0    24     1     6
 -1.9836794959405154E+01 a       559     0    24     1     7
 -2.1205323116717977E+01 a       560     0    24     1     8
 -3.0362987109533570E+01 a       561     0    24     1     9
  2.3874587917245556E+01 a       562     0    24     1    10
  7.3909447120900840E+00 a       563     0    24     1    11
  1.7408345164901031E+00 a       564     0    24     1    12
  8.2530849630320127E+00 a       565     0    24     1    13
  7.1507497301140805E+00 a       566     0    24     1    14
 -1.8154659420236964E+01 a       567     0    24     1    15
  3.9691085793303579E+01 a       568     0    24     1    16
  1.9046637228465109E+01 a       569     0    24     1    17
  8.6530890040953707E+00 a       570     0    24     1    18
  1.4668013372391780E+01 a       571     0    24     1    19
  2.2733476638030073E+01 a       572     0    24     1    20
 -1.0367333133134069E+01 a       573     0    24     1    21
 -1.0450084233710275E+01 a       574     0    24     1    22
  1.8381208693571146E+01 a       575     0    24     1    23
  1.9146835356648463E+01 a       576     0    24     1    24
 -2.1898153234640865E+00 a       577     0    25     1     1
 -9.8271832192132968E-01 a       578     0    25     1     2
  5.8580388118484406E+00 a       579     0    25     1     3
  1.6169122418239044E+00 a       580     0    25     1     4
 -2.1672765799076599E+00 a       581     0    25     1     5
  2.2689622068430988E+00 a       582     0    25     1     6
 -1.1150944219197272E+00 a       583     0    25     1     7
 -1.9401816995410366E+00 a       584     0    25     1     8
  1.4993545880134931E-02 a       585     0    25     1     9
  7.2675368954963764E+00 a       586     0    25     1    10
 -1.1342251328860149E+00 a       587     0    25     1    11
 -9.6966755424365463E+00 a       588     0    25     1    12
 -6.1892880501166427E+00 a       589     0    25     1    13
 -8.4236329179543090E-01 a       590     0    25     1    14
  4.5106982330803209E+00 a       591     0    25     1    15
  2.2740654995415124E+00 a       592     0    25     1    16
 -5.2680633399635903E+00 a       593     0    25     1    17
  3.3291624962198196E+00 a       594     0    25     1    18
  5.2992323427429016E+00 a       595     0    25     1    19
  7.9737663865848796E-01 a       596     0    25     1    20
  1.1144879380394448E+00 a       597     0    25     1    21
  6.0173370118767835E+00 a       598     0    25     1    22
 -2.1136195030134325E-01 a       599     0    25     1    23
  1.9480908098178205E+00 a       600     0    25     1    24
 -4.4493006489141820E+00 a       601     0    26     1     1
  9.7507229901318582E-01 a       602     0    26     1     2
  5.4610870000600853E+00 a       603     0    26     1     3
  1.0074344840436321E+01 a       604     0    26     1     4
 -1.2081426058900355E+01 a       605     0    26     1     5
  1.2957060166551357E+00 a       606     0    26     1     6
  2.9005315233220448E+00 a       607     0    26     1     7
 -7.7975739368485746E+00 a       608     0    26     1     8
  8.6299691187410887E-01 a       609     0    26     1     9
  7.4526552271003785E+00 a       610     0    26     1    10
 -3.0714670031650519E+00 a       611     0    26     1    11
 -9.3197723859643045E+00 a       612     0    26     1    12
 -9.8258894622433655E+00 a       613     0    26     1    13
 -8.0690581750581334E+00 a       614     0    26     1    14
  6.6652333167884716E+00 a       615     0    26     1    15
  7.8897682720383711E-01 a       616     0    26     1    16
 -8.8337381445753831E+00 a       617     0    26     1    17
  8.8872942487904503E+00 a       618     0    26     1    18
  4.0334043554710401E+00 a       619     0    26     1    19
  6.1525920938532126E+00 a       620     0    26     1    20
  5.0682638966243543E+00 a       621     0    26     1    21
  2.0894777137283654E+01 a       622     0    26     1    22
  1.0337662689722134E+01 a       623     0    26     1    23
  5.0955037187676187E+00 a       624     0    26     1    24
 -2.0005928773218665E-01 a       625     0    27     1     1
 -2.6078822901066273E-01 a       626     0    27     1     2
 -2.8825264152246945E+00 a       627     0    27     1     3
 -8.8159143981719490E-01 a       628     0    27     1     4
 -3.0517497710467790E-02 a       629     0    27     1     5
 -4.3338530698911084E+00 a       630     0    27     1     6
  3.7616761541999675E+00 a       631     0    27     1     7
 -4.6854754522406923E+00 a       632     0    27     1     8
  1.1601340042865951E+00 a       633     0    27     1     9
  7.8807669211658133E+00 a       634     0    27     1    10
  3.5980687412665269E+00 a       635     0    27     1    11
 -1.7409572321056208E+00 a       636     0    27     1    12
 -1.4894445346711354E+00 a       637     0    27     1    13
 -2.0807298576608706E+00 a       638     0    27     1    14
 -4.9276915934740559E+00 a       639     0    27     1    15
  3.3642837910336700E+00 a       640     0    27     1    16
  1.5430170370891794E+00 a       641     0    27     1    17
  2.5111752105579677E+00 a       642     0    27     1    18
  3.0341856353023724E+00 a       643     0    27     1    19
  9.6989133893331942E+00 a       644     0    27     1    20
 -1.5649933089032922E-01 a       645     0    27     1    21
 -6.4509257975446888E-01 a       646     0    27     1    22
  1.4083480831715456E+00 a       647     0    27     1    23
  5.4378357451957688E+00 a       648     0    27     1    24
  2.4816154652076489E-01 a       649     0    28     1     1
  3.9349023911874870E+00 a       650     0    28     1     2
 -3.6526611624507264E+00 a       651     0    28     1     3
  7.1902496207958144E-01 a       652     0    28     1     4
  1.5936663297875466E+00 a       653     0    28     1     5
  2.7459719757413803E-01 a       654     0    28     1     6
  2.6488224150445889E+00 a       655     0    28     1     7
  1.1083242080463342E+00 a       656     0    28     1     8
 -3.1805587064817966E+00 a       657     0    28     1     9
 -6.3466565861528927E+00 a       658     0    28     1    10
  4.8740071880958817E+00 a       659     0    28     1    11
  5.2738315936682607E+00 a       660     0    28     1    12
  4.7981052791018524E+00 a       661     0    28     1    13
  3.8500068029730721E+00 a       662     0    28     1    14
  4.5402714176729808E-01 a       663     0    28     1    15
 -1.3708690124674359E+00 a       664     0    28     1    16
  4.0806326117821605E+00 a       665     0    28     1    17
 -3.3428819119689548E+00 a       666     0    28     1    18
 -1.5255004680065662E+00 a       667     0    28     1    19
  9.0812766523019520E-02 a       668     0    28     1    20
 -9.6618124494337299E-01 a       669     0    28     1    21
 -1.1652724157591889E+00 a       670     0    28     1    22
 -5.9450364090669616E+00 a       671     0    28     1    23
  1.0490261515346726E+00 a       672     0    28     1    24
  1.1044857839001040E+01 a       673     0    29     1     1
  9.3985890018692544E+00 a       674     0    29     1     2
 -1.3108040012876097E+01 a       675     0    29     1     3
 -8.8104816644857553E-01 a       676     0    29     1     4
  3.1412240770355893E+00 a       677     0    29     1     5
  2.1388379864777698E-01 a       678     0    29     1     6
  7.8272579718663104E+00 a       679     0    29     1     7
  5.1263433775346972E+00 a       680     0    29     1     8
 -5.0044410526817273E+00 a       681     0    29     1     9
 -1.2382160046105653E+01 a       682     0    29     1    10
  4.1392801018382528E+00 a       683     0    29     1    11
  5.4225259168417814E+00 a       684     0    29     1    12
  1.2776027719029068E+01 a       685     0    29     1    13
  8.5495024929715395E+00 a       686     0    29     1    14
  1.2059935897175300E+00 a       687     0    29     1    15
  6.6585065979510736E+00 a       688     0    29     1    16
  3.7218106273554570E+00 a       689     0    29     1    17
 -9.6922354848287480E+00 a       690     0    29     1    18
 -7.3962800379547602E+00 a       691     0    29     1    19
 -4.8277742151507352E+00 a       692     0    29     1    20
  3.7353186559231288E-01 a       693     0    29     1    21
 -1.1735174260387709E+01 a       694     0    29     1    22
 -1.2238213665490784E+01 a       695     0    29     1    23
 -5.4185720441802241E+00 a       696     0    29     1    24
  2.3806800036300602E+00 a       697     0    30     1     1
 -8.7099439476849518E+00 a       698     0    30     1     2
  4.8094788737361505E-02 a       699     0    30     1     3
 -4.9119663690693649E+00 a       700     0    30     1     4
  1.4313162612126413E+00 a       701     0    30     1     5
  3.4932167799410258E-01 a       702     0    30     1     6
 -7.5812950502458616E+00 a       703     0    30     1     7
 -3.9994852797803375E+00 a       704     0    30     1     8
 -6.6931278941360839E+00 a       705     0    30     1     9
 -2.9048446780406356E-01 a       706     0    30     1    10
  2.3933923344753771E+00 a       707     0    30     1    11
 -3.9127761020017804E+00 a       708     0    30     1    12
  5.1771053607429174E+00 a       709     0    30     1    13
  3.9704781915142218E+00 a       710     0    30     1    14
 -3.8785662296376140E+00 a       711     0    30     1    15
  4.8507550231963803E+00 a       712     0    30     1    16
 -1.0073287656835657E+00 a       713     0    30     1    17
  9.4654712704768185E-01 a       714     0    30     1    18
  1.8722502735691704E+00 a       715     0    30     1    19
 -4.7897789125406304E-01 a       716     0    30     1    20
 -1.6849412125708427E+00 a       717     0    30     1    21
  2.9812557721212394E+00 a       718     0    30     1    22
  3.2302299223608664E+00 a       719     0    30     1    23
  3.5270683194903993E+00 a       720     0    30     1    24
  9.5038558496757841E-01 a       721     0    31     1     1
 -9.4920969634509689E+00 a       722     0    31     1     2
 -2.0006718988689809E-01 a       723     0    31     1     3
 -6.0598040390231871E+00 a       724     0    31     1     4
 -5.4008326104344047E+00 a       725     0    31     1     5
  5.6446159297802252E+00 a       726     0    31     1     6
 -1.1553770386321785E+01 a       727     0    31     1     7
 -5.1522303363342479E+00 a       728     0    31     1     8
  3.1848212623244039E+00 a       729     0    31     1     9
 -2.7593630778393199E+00 a       730     0    31     1    10
  1.4035336969021428E+01 a       731     0    31     1    11
  1.1988904734085329E+01 a       732     0    31     1    12
 -3.4801589174912479E+01 a       733     0    31     1    13
  2.4394489562003514E+00 a       734     0    31     1    14
 -1.2146365283268089E+01 a       735     0    31     1    15
  1.4810132337350568E+00 a       736     0    31     1    16
 -5.5890732870910869E+00 a       737     0    31     1    17
  4.8220331317920406E+00 a       738     0    31     1    18
  1.1653781667892764E+00 a       739     0    31     1    19
 -1.3452847118358374E+01 a       740     0    31     1    20
 -1.3230259671793720E-01 a       741     0    31     1    21
 -3.6117175826418255E+00 a       742     0    31     1    22
  3.1604541858969650E+00 a       743     0    31     1    23
 -1.4634518819872964E+01 a       744     0    31     1    24
 -4.3009142690500276E+01 a       745     0    32     1     1
 -1.4066657621203561E+01 a       746     0    32     1     2
  3.8019078591652182E+01 a       747     0    32     1     3
 -3.2295941622962303E+01 a       748     0    32     1     4
 -4.0903465531851992E+01 a       749     0    32     1     5
 -1.7378504137252680E+01 a       750     0    32     1     6
 -3.8545893925860595E+00 a       751     0    32     1     7
  4.2575485768168928E+00 a       752     0    32     1     8
 -2.5401304300869980E+00 a       753     0    32     1     9
  3.5902801131857238E+01 a       754     0    32     1    10
 -2.5803177252795608E+00 a       755     0    32     1    11
  2.2025062404752731E+00 a       756     0    32     1    12
 -2.2468428280583478E+01 a       757     0    32     1    13
  3.3496800147489294E+00 a       758     0    32     1    14
 -3.7017275095258810E+00 a       759     0    32     1    15
  4.4122955577031497E+01 a       760     0    32     1    16
  7.4954485910717503E+00 a       761     0    32     1    17
 -8.2163250157584002E+00 a       762     0    32     1    18
  2.4602946772209204E+01 a       763     0    32     1    19
 -3.4402783025781187E+00 a       764     0    32     1    20
 -5.1228544227415451E+00 a       765     0    32     1    21
 -2.3329617030533399E+01 a       766     0    32     1    22
  1.5108844323215520E+00 a       767     0    32     1    23
  1.9179262906602830E+00 a       768     0    32     1    24
  3.2495494511744138E+00 a       769     0    33     1     1
  1.5026001416789483E+00 a       770     0    33     1     2
 -1.1242726081964185E+00 a       771     0    33     1     3
 -2.1821830725881228E+00 a       772     0    33     1     4
  2.5403171056293092E+00 a       773     0    33     1     5
  1.7451857817178815E+00 a       774     0    33     1     6
  1.0265684751222264E+00 a       775     0    33     1     7
 -8.2473508732344780E-01 a       776     0    33     1     8
 -1.3591822398462299E+00 a       777     0    33     1     9
  3.7373426857487346E+00 a       778     0    33     1    10
  2.7421496529003315E+00 a       779     0    33     1    11
  1.1382591089415219E-01 a       780     0    33     1    12
  9.7648091376814994E-01 a       781     0    33     1    13
  7.6354226318139440E-01 a       782     0    33     1    14
 -1.1263856415672906E+00 a       783     0    33     1    15
  9.3562460734895614E-01 a       784     0    33     1    16
 -1.1336869999562118E+00 a       785     0    33     1    17
 -2.9119779322240276E+00 a       786     0    33     1    18
 -1.8997690192371490E+00 a       787     0    33     1    19
 -3.8289748566335660E+00 a       788     0    33     1    20
  2.9830300164358086E+00 a       789     0    33     1    21
 -1.2422697405075365E+00 a       790     0    33     1    22
 -3.1562559994000923E+00 a       791     0    33     1    23
  1.1850557305991023E+00 a       792     0    33     1    24
 -4.5302372202074792E-01 a       793     0    34     1     1
 -1.5397476031900237E-01 a       794     0    34     1     2
  1.9731485843082217E-01 a       795     0    34     1     3
  4.0545984669399321E-01 a       796     0    34     1     4
  5.2721561105571357E-01 a       797     0    34     1     5
  2.8932303119265806E-01 a       798     0    34     1     6
  5.0053431039575846E-01 a       799     0    34     1     7
 -2.8566606815499213E-01 a       800     0    34     1     8
  3.0288988065839395E-01 a       801     0    34     1     9
  1.1346439251072732E-01 a       802     0    34     1    10
  1.9920989135062259E-01 a       803     0    34     1    11
  9.5893722983684659E-01 a       804     0    34     1    12
  7.4278879462027336E-01 a       805     0    34     1    13
 -1.6590145682526794E-01 a       806     0    34     1    14
  3.2989083578021133E-01 a       807     0    34     1    15
  2.2278263594258232E-01 a       808     0    34     1    16
 -5.4571601792320880E-02 a       809     0    34     1    17
  2.2873967579993740E-01 a       810     0    34     1    18
  3.1267223713317804E-01 a       811     0    34     1    19
  8.9916457147350498E-02 a       812     0    34     1    20
  1.6758284466966414E-01 a       813     0    34     1    21
 -2.6962195410419498E-01 a       814     0    34     1    22
  1.0397475637336064E-01 a       815     0    34     1    23
  4.4784641151895294E-01 a       816     0    34     1    24
 -2.9644630650675778E+00 a       817     0    35     1     1
 -1.7258343151661630E+00 a       818     0    35     1     2
  2.5976010473387007E-01 a       819     0    35     1     3
  7.5699439432269366E-01 a       820     0    35     1     4
 -1.4688827858803195E+00 a       821     0    35     1     5
 -2.4265500978187946E+00 a       822     0    35     1     6
  1.0681835863268365E+00 a       823     0    35     1     7
  1.2581341071989118E+00 a       824     0    35     1     8
  1.8698875767387397E+00 a       825     0    35     1     9
 -2.5210165173889001E+00 a       826     0    35     1    10
 -1.1672561259042531E+00 a       827     0    35     1    11
  2.2950464046424934E+00 a       828     0    35     1    12
  1.3730709628847562E-01 a       829     0    35     1    13
 -2.9576026093506935E-01 a       830     0    35     1    14
  7.3536982201143497E-01 a       831     0    35     1    15
 -6.9104537289266099E-01 a       832     0    35     1    16
  5.8494751829905256E-01 a       833     0    35     1    17
  1.8005692327832470E+00 a       834     0    35     1    18
  1.9332267276244415E+00 a       835     0    35     1    19
  3.4714660356244638E+00 a       836     0    35     1    20
 -1.4927675797651168E+00 a       837     0    35     1    21
 -1.3834002448598883E+00 a       838     0    35     1    22
  9.3468846559029362E-01 a       839     0    35     1    23
 -2.8968077358874766E+00 a       840     0    35     1    24
  1.2523601125043842E+00 a       841     0    36     1     1
  3.6488892732231942E-01 a       842     0    36     1     2
 -1.6958668505815724E+00 a       843     0    36     1     3
 -8.6700471227714526E-01 a       844     0    36     1     4
 -1.0093729890664169E+00 a       845     0    36     1     5
 -2.9522578411138212E-01 a       846     0    36     1     6
  1.3223097474281249E+00 a       847     0    36     1     7
  1.6331361596449889E+00 a       848     0    36     1     8
 -1.6578646805027464E+00 a       849     0    36     1     9
  2.9584856857191749E-01 a       850     0    36     1    10
  1.7386125710610123E+00 a       851     0    36     1    11
  1.6528630572148668E+00 a       852     0    36     1    12
  5.6619332127844824E-01 a       853     0    36     1    13
  8.9080664572289714E-01 a       854     0    36     1    14
 -4.0867738603406278E-01 a       855     0    36     1    15
  2.9225413833813618E-01 a       856     0    36     1    16
 -1.6047299887751290E-01 a       857     0    36     1    17
 -5.6138583825947636E-02 a       858     0    36     1    18
 -6.8297173664139643E-01 a       859     0    36     1    19
 -8.2770382628403338E-01 a       860     0    36     1    20
  4.1225822440451781E-02 a       861     0    36     1    21
 -1.3232269614206231E+00 a       862     0    36     1    22
 -3.7519549129195851E-01 a       863     0    36     1    23
 -1.3798653315490927E+00 a       864     0    36     1    24
 -4.0844736990360769E-01 a       865     0    37     1     1
  1.4566262316105492E+00 a       866     0    37     1     2
 -1.0123547998706948E+00 a       867     0    37     1     3
  1.0151482456178977E+00 a       868     0    37     1     4
 -1.6456768848253143E+00 a       869     0    37     1     5
  8.7863426723628868E-01 a       870     0    37     1     6
  8.1611769241968779E-01 a       871     0    37     1     7
  5.0540936343143647E-02 a       872     0    37     1     8
 -8.0316273220801671E-01 a       873     0    37     1     9
 -2.2955821731831616E+00 a       874     0    37     1    10
  1.1778339073858686E+00 a       875     0    37     1    11
  1.4765430748034933E+00 a       876     0    37     1    12
  1.9970831241789100E+00 a       877     0    37     1    13
  1.4627481169909813E+00 a       878     0    37     1    14
 -2.2022883426162894E+00 a       879     0    37     1    15
 -2.2578690068088663E+00 a       880     0    37     1    16
  1.9565875273953750E+00 a       881     0    37     1    17
  1.1655122662404347E+00 a       882     0    37     1    18
 -2.5431260844053982E+00 a       883     0    37     1    19
  8.3227473084777148E-01 a       884     0    37     1    20
  6.7561149308019564E-01 a       885     0    37     1    21
 -1.1188735999995199E-01 a       886     0    37     1    22
 -1.3497422002773205E+00 a       887     0    37     1    23
  2.5148903392351856E+00 a       888     0    37     1    24
 -1.1062201535650903E+01 a       889     0    38     1     1
  8.3499570100573839E-01 a       890     0    38     1     2
  2.5464911958225382E+00 a       891     0    38     1     3
  4.0101424610340457E+00 a       892     0    38     1     4
 -3.8472134620332956E+00 a       893     0    38     1     5
  3.1679474698347798E-01 a       894     0    38     1     6
  3.5362873810881523E+00 a       895     0    38     1     7
  5.4035061057275007E+00 a       896     0    38     1     8
 -4.9612198587055483E+00 a       897     0    38     1     9
 -4.5641730100765896E+00 a       898     0    38     1    10
 -2.3732413543383024E+00 a       899     0    38     1    11
  3.1679769656389385E+00 a       900     0    38     1    12
  1.1433678852254592E+00 a       901     0    38     1    13
  1.4127045377915728E+00 a       902     0    38     1    14
  6.8480765304456481E+00 a       903     0    38     1    15
  6.3672993954594972E+00 a       904     0    38     1    16
  1.6979891489551184E+00 a       905     0    38     1    17
  8.1744052819089479E+00 a       906     0    38     1    18
  1.7386057608687291E+00 a       907     0    38     1    19
  1.4091016966837744E+00 a       908     0    38     1    20
 -6.8872070902207527E+00 a       909     0    38     1    21
 -8.9978391354377782E-02 a       910     0    38     1    22
  5.9270652710668426E+00 a       911     0    38     1    23
 -2.5740504974341634E+00 a       912     0    38     1    24
 -1.5367793932936594E-02 a       913     0    39     1     1
  3.2340363532976940E-01 a       914     0    39     1     2
  8.9866238167432466E-01 a       915     0    39     1     3
  3.9449398986248468E-01 a       916     0    39     1     4
 -1.0121007772185109E+00 a       917     0    39     1     5
  1.2708329616154297E+00 a       918     0    39     1     6
 -4.9302751053686610E-02 a       919     0    39     1     7
 -2.8976844207509783E-01 a       920     0    39     1     8
  2.8807482176688864E-01 a       921     0    39     1     9
 -9.4682592613283201E-01 a       922     0    39     1    10
 -1.1005942425254758E+00 a       923     0    39     1    11
  1.0258026147805159E+00 a       924     0    39     1    12
 -1.7319072763487422E+00 a       925     0    39     1    13
  2.5020156092273891E+00 a       926     0    39     1    14
 -3.7955164109736361E-01 a       927     0    39     1    15
  2.3390366541032583E+00 a       928     0    39     1    16
 -5.2886165096044024E-01 a       929     0    39     1    17
  5.0976684484584041E-02 a       930     0    39     1    18
  1.9870871878084420E-01 a       931     0    39     1    19
  6.9194607340005310E-01 a       932     0    39     1    20
 -1.1884875820929581E+00 a       933     0    39     1    21
  2.3954510899456447E-01 a       934     0    39     1    22
 -1.4768325260816735E+00 a       935     0    39     1    23
  1.1346259594225219E+00 a       936     0    39     1    24
 -7.3944667661801731E+00 a       937     0    40     1     1
 -2.2952525093971049E-01 a       938     0    40     1     2
  2.8492674935166122E+00 a       939     0    40     1     3
  2.8158125441135820E+00 a       940     0    40     1     4
 -7.0863701741081169E+00 a       941     0    40     1     5
  2.4390972272494227E+00 a       942     0    40     1     6
  2.7632899769294916E-01 a       943     0    40     1     7
  2.2988539077797823E-01 a       944     0    40     1     8
 -1.8997000694031534E+00 a       945     0    40     1     9
  2.4583404917816285E+00 a       946     0    40     1    10
 -6.2586660696705216E+00 a       947     0    40     1    11
  1.8514109889904279E-01 a       948     0    40     1    12
 -7.3519234175210546E-01 a       949     0    40     1    13
 -1.8342286398491814E+00 a       950     0    40     1    14
  7.5185856690580897E+00 a       951     0    40     1    15
  4.7354992671770280E+00 a       952     0    40     1    16
 -1.3952276967693757E+00 a       953     0    40     1    17
  8.0671445440977436E+00 a       954     0    40     1    18
  1.0141246449176291E+00 a       955     0    40     1    19
 -3.5076711440999980E-01 a       956     0    40     1    20
 -1.5557237104404444E+00 a       957     0    40     1    21
  2.4674675762089344E+00 a       958     0    40     1    22
  4.7374180560314150E+00 a       959     0    40     1    23
 -1.9782340496099923E-01 a       960     0    40     1    24
 -2.2796916850197753E+00 a       961     0    41     1     1
 -7.3375628230460093E+00 a       962     0    41     1     2
 -2.2926632546677006E-01 a       963     0    41     1     3
  3.6076347231787995E+00 a       964     0    41     1     4
 -3.6547416811867506E+00 a       965     0    41     1     5
  3.6632860769452078E+00 a       966     0    41     1     6
 -3.0440146343142445E+00 a       967     0    41     1     7
 -4.7406599487759600E+00 a       968     0    41     1     8
  3.1897643118958157E+00 a       969     0    41     1     9
 -5.9865449786998886E+00 a       970     0    41     1    10
 -2.9904055346879317E+00 a       971     0    41     1    11
  1.3618658341847532E+00 a       972     0    41     1    12
 -4.3329895602878237E+00 a       973     0    41     1    13
  9.5472123465358329E+00 a       974     0    41     1    14
 -1.4954154012204994E+00 a       975     0    41     1    15
  3.7034062759812461E+00 a       976     0    41     1    16
  2.2433069036935946E+00 a       977     0    41     1    17
 -9.0541346975338621E-01 a       978     0    41     1    18
  6.9200209695984283E-01 a       979     0    41     1    19
  1.1455414747049795E+00 a       980     0    41     1    20
  2.0930043970521384E+00 a       981     0    41     1    21
  3.5035366829272188E+00 a       982     0    41     1    22
 -5.5804589973227721E+00 a       983     0    41     1    23
  7.5276097037833956E-01 a       984     0    41     1    24
 -3.2702473483038061E+00 a       985     0    42     1     1
 -3.1619612632269187E+00 a       986     0    42     1     2
  9.8797534810276311E-01 a       987     0    42     1     3
  3.9570244416524045E+00 a       988     0    42     1     4
 -2.9138392200840674E-01 a       989     0    42     1     5
  1.0551039082032037E+00 a       990     0    42     1     6
 -9.5323248589290055E-01 a       991     0    42     1     7
 -3.3072548543943814E+00 a       992     0    42     1     8
  9.0237590916766508E-01 a       993     0    42     1     9
 -2.9116080955010788E+00 a       994     0    42     1    10
 -4.2616032184681396E+00 a       995     0    42     1    11
  3.7240267734115723E-01 a       996     0    42     1    12
 -2.1344235040455870E+00 a       997     0    42     1    13
  4.2409871831606774E+00 a       998     0    42     1    14
 -1.1445280071701460E+00 a       999     0    42     1    15
  3.1292099036563288E+00 a      1000     0    42     1    16
  1.8800992871574858E+00 a      1001     0    42     1    17
  5.6035381478186159E-02 a      1002     0    42     1    18
  1.2483108796345592E+00 a      1003     0    42     1    19
  5.9397001287823870E-01 a      1004     0    42     1    20
 -3.4644031991525792E-01 a      1005     0    42     1    21
 -1.1862017314007707E+00 a      1006     0    42     1    22
 -4.5433139542033141E+00 a      1007     0    42     1    23
  1.1952518070498848E+00 a      1008     0    42     1    24
 -1.2903819127252511E+01 a      1009     0    43     1     1
 -9.3054474036680173E+00 a      1010     0    43     1     2
 -5.2489271230562995E+00 a      1011     0    43     1     3
  5.7802268454931998E+00 a      1012     0    43     1     4
 -1.1894337239610595E+01 a      1013     0    43     1     5
  1.8852727443501065E+00 a      1014     0    43     1     6
  1.3185608366378812E+01 a      1015     0    43     1     7
 -6.4101821643438450E+00 a      1016     0    43     1     8
 -1.4007900517782049E+01 a      1017     0    43     1     9
 -1.7956511900256813E+00 a      1018     0    43     1    10
 -5.6610938226138563E+00 a      1019     0    43     1    11
 -1.9761515939906825E+01 a      1020     0    43     1    12
 -5.5490013820392858E-01 a      1021     0    43     1    13
 -8.1744827282291634E+00 a      1022     0    43     1    14
  1.5362297284565738E+01 a      1023     0    43     1    15
  7.7217315718879069E+00 a      1024     0    43     1    16
 -8.6758428706657931E+00 a      1025     0    43     1    17
  1.3299234140363668E+01 a      1026     0    43     1    18
  3.3663096714908707E+00 a      1027     0    43     1    19
 -1.2641338961455864E-01 a      1028     0    43     1    20
 -2.4678031597611119E+00 a      1029     0    43     1    21
 -2.0495081088744130E-01 a      1030     0    43     1    22
 -7.0019703191403178E+00 a      1031     0    43     1    23
 -3.7959339052977263E+00 a      1032     0    43     1    24
  2.1348293525572402E+01 a      1033     0    44     1     1
  1.1058948620800637E+00 a      1034     0    44     1     2
 -2.3961901118010589E+00 a      1035     0    44     1     3
  1.9008707043290960E+00 a      1036     0    44     1     4
  6.4118588794538978E+00 a      1037     0    44     1     5
  3.0017758296430115E+00 a      1038     0    44     1     6
 -9.5884143501359476E-01 a      1039     0    44     1     7
 -1.4272225981376165E+01 a      1040     0    44     1     8
  7.2596879897421749E+00 a      1041     0    44     1     9
  1.5852117831300916E+01 a      1042     0    44     1    10
  1.4674721484435641E-01 a      1043     0    44     1    11
 -1.6019532860086720E+01 a      1044     0    44     1    12
 -2.0654806415099811E+00 a      1045     0    44     1    13
 -7.3464764430278331E+00 a      1046     0    44     1    14
 -1.1657356040779959E+01 a      1047     0    44     1    15
 -1.7306777387243226E+01 a      1048     0    44     1    16
  5.0286392116410759E-03 a      1049     0    44     1    17
 -7.0949665417558325E+00 a      1050     0    44     1    18
  1.5076196576457945E+00 a      1051     0    44     1    19
  1.1901968374519361E+00 a      1052     0    44     1    20
  8.4746150211829008E+00 a      1053     0    44     1    21
  1.4252321933107517E+00 a      1054     0    44     1    22
 -1.1157770914155575E+01 a      1055     0    44     1    23
  1.1378574347206932E+01 a      1056     0    44     1    24
  1.3741276353623209E+00 a      1057     0    45     1     1
  5.2363768022479684E-01 a      1058     0    45     1     2
 -6.5767585613726420E-01 a      1059     0    45     1     3
  5.9972712214699815E+00 a      1060     0    45     1     4
  3.1582260608370367E+00 a      1061     0    45     1     5
 -7.2671745147394529E-01 a      1062     0    45     1     6
  3.2202374870099471E+00 a      1063     0    45     1     7
 -2.0920912733234633E+00 a      1064     0    45     1     8
 -3.0351220129809353E+00 a      1065     0    45     1     9
  6.1113398303782258E+00 a      1066     0    45     1    10
  1.3835446114311474E+00 a      1067     0    45     1    11
 -9.7962707471557469E+00 a      1068     0    45     1    12
  5.0538320847904394E+00 a      1069     0    45     1    13
 -9.4691446284223417E+00 a      1070     0    45     1    14
  2.5242793672790897E+00 a      1071     0    45     1    15
 -6.0967438366460938E+00 a      1072     0    45     1    16
  2.0107807897015850E+00 a      1073     0    45     1    17
  4.8335845913133824E+00 a      1074     0    45     1    18
  3.7306644057480827E+00 a      1075     0    45     1    19
 -1.6916401423761962E+00 a      1076     0    45     1    20
 -5.3912201809028311E+00 a      1077     0    45     1    21
  1.0933026932501713E+00 a      1078     0    45     1    22
  4.9451546522155070E+00 a      1079     0    45     1    23
  2.3902240952376994E+00 a      1080     0    45     1    24
  2.5296566380610415E+01 a      1081     0    46     1     1
  8.6337216977544422E+00 a      1082     0    46     1     2
 -1.1296374675909865E+01 a      1083     0    46     1     3
 -6.8839758863678586E+00 a      1084     0    46     1     4
  1.6037322027571602E+01 a      1085     0    46     1     5
 -3.7972193399969272E+00 a      1086     0    46     1     6
  6.3680577364387192E+00 a      1087     0    46     1     7
  8.0899890753288028E-01 a      1088     0    46     1     8
 -6.9804167591808275E+00 a      1089     0    46     1     9
 -7.6099400360270419E-01 a      1090     0    46     1    10
  1.0562076389530715E+01 a      1091     0    46     1    11
 -2.8670616706344929E+00 a      1092     0    46     1    12
  2.6869763289579516E+00 a      1093     0    46     1    13
  5.4480390739380411E+00 a      1094     0    46     1    14
 -1.3774581989040783E+01 a      1095     0    46     1    15
 -8.8417834293202073E+00 a      1096     0    46     1    16
  8.6570261681215677E-01 a      1097     0    46     1    17
 -1.9291834586061501E+01 a      1098     0    46     1    18
 -4.3436483745448834E-01 a      1099     0    46     1    19
 -5.1268885451953494E+00 a      1100     0    46     1    20
 -1.6697204921807318E+00 a      1101     0    46     1    21
 -1.2555049964682487E+01 a      1102     0    46     1    22
 -1.5732712145805925E+01 a      1103     0    46     1    23
  6.4183161703347373E+00 a      1104     0    46     1    24
  8.8208855259037000E-01 a      1105     0    47     1     1
  1.4605454769859239E+01 a      1106     0    47     1     2
 -1.3797477829421836E+00 a      1107     0    47     1     3
  9.1657689398472730E-01 a      1108     0    47     1     4
  1.2736731937116406E+00 a      1109     0    47     1     5
 -9.3265597459957412E+00 a      1110     0    47     1     6
  4.3937935889948756E+00 a      1111     0    47     1     7
  5.2403420053933445E+00 a      1112     0    47     1     8
 -5.9357511176528401E+00 a      1113     0    47     1     9
  4.4376253209037353E+00 a      1114     0    47     1    10
  4.3692564145130985E+00 a      1115     0    47     1    11
 -1.9304670378293221E+01 a      1116     0    47     1    12
  5.1225747624534792E+00 a      1117     0    47     1    13
 -2.2996121016095010E+01 a      1118     0    47     1    14
  3.0978695861832517E-01 a      1119     0    47     1    15
 -6.1189783058768130E+00 a      1120     0    47     1    16
  2.3340448391172410E+00 a      1121     0    47     1    17
  6.4627324287346859E+00 a      1122     0    47     1    18
  3.8400490135853489E+00 a      1123     0    47     1    19
  5.7957397728662148E+00 a      1124     0    47     1    20
 -1.7278191019792487E+01 a      1125     0    47     1    21
 -2.2862249686212319E-01 a      1126     0    47     1    22
  1.2570674018500618E+01 a      1127     0    47     1    23
 -4.1038784849168142E+00 a      1128     0    47     1    24
  1.3396788841418363E+01 a      1129     0    48     1     1
  1.1345458857819906E+01 a      1130     0    48     1     2
 -1.1363616781774045E+01 a      1131     0    48     1     3
 -1.3980452874559457E+01 a      1132     0    48     1     4
 -7.0399896840164908E+00 a      1133     0    48     1     5
 -4.1112059700699950E+00 a      1134     0    48     1     6
  4.1280239245498347E+00 a      1135     0    48     1     7
  1.4068479188074754E+01 a      1136     0    48     1     8
 -2.0949072156334211E+01 a      1137     0    48     1     9
  9.1315385091668801E+00 a      1138     0    48     1    10
  1.1185081523879930E+01 a      1139     0    48     1    11
 -5.5560099020595279E+00 a      1140     0    48     1    12
  7.0996924117175615E+00 a      1141     0    48     1    13
 -8.8567365652940975E+00 a      1142     0    48     1    14
  4.5687952420786822E+00 a      1143     0    48     1    15
  4.7877373665512313E-01 a      1144     0    48     1    16
 -6.8091725568765682E+00 a      1145     0    48     1    17
 -2.9323506081356250E+00 a      1146     0    48     1    18
 -6.9120456837804918E+00 a      1147     0    48     1    19
 -1.2206027308317413E+01 a      1148     0    48     1    20
 -5.3385929334949704E+00 a      1149     0    48     1    21
  2.0417160507772008E+00 a      1150     0    48     1    22
  1.2891697205011388E+01 a      1151     0    48     1    23
 -1.2290947224011996E+01 a      1152     0    48     1    24
  1.8945425021092965E-01 a      1153     0    49     1     1
  1.9396808966664231E+01 a      1154     0    49     1     2
  3.8315097422769145E-01 a      1155     0    49     1     3
 -1.3718665796373017E+00 a      1156     0    49     1     4
  1.0960361662942981E+01 a      1157     0    49     1     5
 -1.6969810820904637E+01 a      1158     0    49     1     6
 -7.4550138690612071E+00 a      1159     0    49     1     7
  3.0376743559674413E+00 a      1160     0    49     1     8
 -1.3782351517414947E+01 a      1161     0    49     1     9
  3.5391120416132664E+00 a      1162     0    49     1    10
  9.4226943570341437E-01 a      1163     0    49     1    11
  2.1415831832407143E+01 a      1164     0    49     1    12
  7.5763364879996908E+00 a      1165     0    49     1    13
  1.4786287654870206E+01 a      1166     0    49     1    14
 -1.8663024683696484E+01 a      1167     0    49     1    15
 -2.2396104372596528E+00 a      1168     0    49     1    16
  7.6359446539450264E+00 a      1169     0    49     1    17
 -1.3105241151285997E+01 a      1170     0    49     1    18
 -1.6180685307644655E+01 a      1171     0    49     1    19
 -6.0976304710028773E+00 a      1172     0    49     1    20
  3.3931894917687173E+00 a      1173     0    49     1    21
 -1.5900216985555014E+01 a      1174     0    49     1    22
 -5.8427767094149035E+00 a      1175     0    49     1    23
  1.4011909465060514E+01 a      1176     0    49     1    24
  1.3902232570957276E+00 a      1177     0    50     1     1
  1.7973635656163273E-01 a      1178     0    50     1     2
  1.2584435746477591E+00 a      1179     0    50     1     3
  2.5201934493572092E-01 a      1180     0    50     1     4
  3.8679437176639486E-01 a      1181     0    50     1     5
  4.4844225715931718E-01 a      1182     0    50     1     6
 -7.0414245268987019E-01 a      1183     0    50     1     7
 -1.6939773812821086E+00 a      1184     0    50     1     8
  9.5512222842758043E-01 a      1185     0    50     1     9
 -2.0819308791686092E-01 a      1186     0    50     1    10
  2.8759433179637939E-01 a      1187     0    50     1    11
  4.9418658693944001E-01 a      1188     0    50     1    12
 -7.3888565706462128E-01 a      1189     0    50     1    13
  5.0616326114675503E-01 a      1190     0    50     1    14
 -1.1877962029904909E+00 a      1191     0    50     1    15
 -4.8007907664657717E-01 a      1192     0    50     1    16
 -6.8295414063308890E-01 a      1193     0    50     1    17
 -4.8418371349873984E-01 a      1194     0    50     1    18
 -2.1105766379486768E-01 a      1195     0    50     1    19
  3.9823700746527491E-01 a      1196     0    50     1    20
  5.4900456300615197E-01 a      1197     0    50     1    21
  7.9537597128390292E-01 a      1198     0    50     1    22
 -1.2408198097576846E+00 a      1199     0    50     1    23
  1.4007216805186469E+00 a      1200     0    50     1    24
  1.4165103602076481E+00 a      1201     0    51     1     1
 -2.7651282635469870E-01 a      1202     0    51     1     2
  2.8827441558321260E-01 a      1203     0    51     1     3
 -1.8650739697436440E+00 a      1204     0    51     1     4
  1.8019419181764680E+00 a      1205     0    51     1     5
 -4.3723008923140128E-01 a      1206     0    51     1     6
 -1.7257459412822715E-01 a      1207     0    51     1     7
 -3.0672859874310232E-01 a      1208     0    51     1     8
  6.8354610308011865E-01 a      1209     0    51     1     9
 -1.8250167373194035E+00 a      1210     0    51     1    10
  4.4268684751879178E-01 a      1211     0    51     1    11
 -1.4234213552649141E-01 a      1212     0    51     1    12
 -6.2061073254628932E-04 a      1213     0    51     1    13
  6.9900373847965258E-01 a      1214     0    51     1    14
 -1.1039358725864263E+00 a      1215     0    51     1    15
 -2.5437248926530703E-01 a      1216     0    51     1    16
 -1.7639545854170202E-01 a      1217     0    51     1    17
 -2.5338047216866730E+00 a      1218     0    51     1    18
  4.8371627142463119E-01 a      1219     0    51     1    19
 -4.5983004356739486E-02 a      1220     0    51     1    20
  2.8433970847970774E-01 a      1221     0    51     1    21
 -4.9089235616267873E-01 a      1222     0    51     1    22
 -1.5243347756225689E+00 a      1223     0    51     1    23
  5.7429861132105076E-01 a      1224     0    51     1    24
 -6.4840745513331866E-01 a      1225     0    52     1     1
  1.0879386125771442E+00 a      1226     0    52     1     2
 -8.3919857615669932E-02 a      1227     0    52     1     3
  8.8973222883382708E-01 a      1228     0    52     1     4
  3.4731484802325752E+00 a      1229     0    52     1     5
  1.2825144543797202E+00 a      1230     0    52     1     6
 -7.2866789384582811E-02 a      1231     0    52     1     7
 -9.5693059123115820E-01 a      1232     0    52     1     8
  2.8100790418059716E+00 a      1233     0    52     1     9
  3.9099890562898043E+00 a      1234     0    52     1    10
 -2.4418698906837677E+00 a      1235     0    52     1    11
  4.5512398258815105E+00 a      1236     0    52     1    12
 -1.6923410098280678E+00 a      1237     0    52     1    13
  2.9834283514319075E+00 a      1238     0    52     1    14
 -3.7981473017135636E+00 a      1239     0    52     1    15
  3.1157445934297751E-01 a      1240     0    52     1    16
  3.4679535323505211E+00 a      1241     0    52     1    17
 -2.8660987882592415E+00 a      1242     0    52     1    18
  2.6149450700227139E+00 a      1243     0    52     1    19
  3.5365258703393165E-01 a      1244     0    52     1    20
  1.6885515225154657E+00 a      1245     0    52     1    21
 -1.9695368862204903E+00 a      1246     0    52     1    22
 -1.7247609803460158E+00 a      1247     0    52     1    23
  4.7440947520418835E+00 a      1248     0    52     1    24
 -1.1751682782762153E+01 a      1249     0    53     1     1
  8.3292120518351742E-01 a      1250     0    53     1     2
  1.5401496233058067E+00 a      1251     0    53     1     3
  8.3399942932968507E-01 a      1252     0    53     1     4
 -4.4741452871378478E+00 a      1253     0    53     1     5
 -8.6696880649553187E-01 a      1254     0    53     1     6
 -1.1567474284829220E+00 a      1255     0    53     1     7
  6.6637753521990026E+00 a      1256     0    53     1     8
 -4.4158959085891878E+00 a      1257     0    53     1     9
 -6.9566369708792113E+00 a      1258     0    53     1    10
 -1.8447660958360554E-01 a      1259     0    53     1    11
  7.6571998521652684E-01 a      1260     0    53     1    12
  5.8251707383914886E-01 a      1261     0    53     1    13
  1.3837644228057866E-01 a      1262     0    53     1    14
  8.9625849063257803E+00 a      1263     0    53     1    15
  7.6450059501838705E+00 a      1264     0    53     1    16
  8.7544431202435125E-01 a      1265     0    53     1    17
  6.9304363364911836E+00 a      1266     0    53     1    18
 -3.6984556875168551E-02 a      1267     0    53     1    19
  9.0973997146479535E-01 a      1268     0    53     1    20
 -8.7866772930300332E+00 a      1269     0    53     1    21
  4.3969589205238080E+00 a      1270     0    53     1    22
  9.8077835445248969E+00 a      1271     0    53     1    23
 -4.0656134885094621E+00 a      1272     0    53     1    24
 -3.0212031289729979E+00 a      1273     0    54     1     1
  4.9189612509668024E-01 a      1274     0    54     1     2
  7.4146765807828729E-01 a      1275     0    54     1     3
 -3.9278063603253555E-01 a      1276     0    54     1     4
 -1.0437143570689202E+00 a      1277     0    54     1     5
  1.7176282328733450E+00 a      1278     0    54     1     6
 -1.2820122346184970E+00 a      1279     0    54     1     7
  1.2142721795034395E+00 a      1280     0    54     1     8
  2.4239692545775990E+00 a      1281     0    54     1     9
 -8.2437829422949571E-01 a      1282     0    54     1    10
 -8.7088133895091513E-01 a      1283     0    54     1    11
  4.7612256691181924E+00 a      1284     0    54     1    12
 -1.2159793870383999E+00 a      1285     0    54     1    13
  2.7481768670039735E+00 a      1286     0    54     1    14
  3.0951250171304440E-01 a      1287     0    54     1    15
  3.8715012719542785E+00 a      1288     0    54     1    16
 -5.0019203061258288E-01 a      1289     0    54     1    17
 -3.5246761283286944E-02 a      1290     0    54     1    18
 -5.7187151651946477E-01 a      1291     0    54     1    19
  2.7140819286433149E+00 a      1292     0    54     1    20
  6.9083343089158766E-01 a      1293     0    54     1    21
  1.0817905282559117E+00 a      1294     0    54     1    22
  1.0257326220191518E+00 a      1295     0    54     1    23
  1.6433549490617461E+00 a      1296     0    54     1    24
 -1.3148689297869572E+01 a      1297     0    55     1     1
 -1.9269289901792561E+00 a      1298     0    55     1     2
  5.6200694344947948E+00 a      1299     0    55     1     3
  2.4714269862405178E+00 a      1300     0    55     1     4
 -1.0475431103333996E+01 a      1301     0    55     1     5
  1.1697273382024318E+00 a      1302     0    55     1     6
 -4.1284890610959870E+00 a      1303     0    55     1     7
  8.2495782515665428E-01 a      1304     0    55     1     8
  1.6601462893817800E+00 a      1305     0    55     1     9
  4.3647734525594689E-01 a      1306     0    55     1    10
 -6.8865050118059905E+00 a      1307     0    55     1    11
 -1.7699172391768316E+00 a      1308     0    55     1    12
 -1.6447691045800226E+00 a      1309     0    55     1    13
 -4.1674932477559699E+00 a      1310     0    55     1    14
  9.2361851611233963E+00 a      1311     0    55     1    15
  5.3259108476126995E+00 a      1312     0    55     1    16
 -1.4264958557980882E+00 a      1313     0    55     1    17
  1.0561361741171394E+01 a      1314     0    55     1    18
 -2.0931647852548858E+00 a      1315     0    55     1    19
  2.2350400068821199E+00 a      1316     0    55     1    20
  1.1920052302267978E+00 a      1317     0    55     1    21
  5.4498292959799635E+00 a      1318     0    55     1    22
  8.7924795326748821E+00 a      1319     0    55     1    23
 -2.8300543280352164E+00 a      1320     0    55     1    24
  7.2107948422400969E-01 a      1321     0    56     1     1
 -5.5935990204771295E+00 a      1322     0    56     1     2
 -3.6328687813930216E-01 a      1323     0    56     1     3
 -1.6465519849108221E+00 a      1324     0    56     1     4
  4.1854267719215632E-01 a      1325     0    56     1     5
  7.2510661054215744E+00 a      1326     0    56     1     6
 -4.4290311554966655E+00 a      1327     0    56     1     7
 -1.7612998040006413E+00 a      1328     0    56     1     8
  2.3206288577565704E+00 a      1329     0    56     1     9
  2.4295857525087694E+00 a      1330     0    56     1    10
 -2.2861364568415503E+00 a      1331     0    56     1    11
  1.2572675898216390E+01 a      1332     0    56     1    12
 -2.9652529357939459E+00 a      1333     0    56     1    13
  1.1685875099139331E+01 a      1334     0    56     1    14
  1.1899719015375883E+00 a      1335     0    56     1    15
  2.9731540936551277E+00 a      1336     0    56     1    16
 -3.5986472580775923E+00 a      1337     0    56     1    17
 -3.8080107576419353E+00 a      1338     0    56     1    18
 -3.8444965163685985E+00 a      1339     0    56     1    19
 -4.8372443133315519E+00 a      1340     0    56     1    20
  1.3425570517702379E+01 a      1341     0    56     1    21
  9.7373288761537569E-01 a      1342     0    56     1    22
 -3.0816037011282735E+00 a      1343     0    56     1    23
  6.3644134534649250E+00 a      1344     0    56     1    24
 -1.6512341783056330E+00 a      1345     0    57     1     1
 -4.2434415116370729E+00 a      1346     0    57     1     2
  1.6798251331892797E+00 a      1347     0    57     1     3
  7.9071333485121951E+00 a      1348     0    57     1     4
  4.8455913353250031E+00 a      1349     0    57     1     5
  2.4767223119926243E+00 a      1350     0    57     1     6
 -6.0878271182257020E+00 a      1351     0    57     1     7
 -4.1532512066084859E+00 a      1352     0    57     1     8
  4.4586097702901393E+00 a      1353     0    57     1     9
 -2.2882205677625045E+00 a      1354     0    57     1    10
 -4.9793111721394387E+00 a      1355     0    57     1    11
  6.6928442028426476E+00 a      1356     0    57     1    12
 -6.5087637041716517E+00 a      1357     0    57     1    13
  7.1146411771803999E+00 a      1358     0    57     1    14
 -1.3881751141063605E+00 a      1359     0    57     1    15
 -1.6122106104178298E+00 a      1360     0    57     1    16
  1.2051549768670078E+00 a      1361     0    57     1    17
  4.9004456412747793E-01 a      1362     0    57     1    18
 -2.8868030981764656E+00 a      1363     0    57     1    19
 -9.6711054617286418E-01 a      1364     0    57     1    20
  3.8770472347068394E+00 a      1365     0    57     1    21
 -3.6508105325534275E+00 a      1366     0    57     1    22
 -5.5392772757052731E+00 a      1367     0    57     1    23
  6.1685786552229569E+00 a      1368     0    57     1    24
  1.4710097838462932E+01 a      1369     0    58     1     1
 -5.5778195159121031E+00 a      1370     0    58     1     2
 -6.5350701287360913E+00 a      1371     0    58     1     3
 -4.3083203608451610E+00 a      1372     0    58     1     4
 -8.9897713262138090E+00 a      1373     0    58     1     5
  8.6165790876842099E+00 a      1374     0    58     1     6
  9.7979554495686616E-01 a      1375     0    58     1     7
  5.1195252263783049E+00 a      1376     0    58     1     8
 -2.6842566091798390E+00 a      1377     0    58     1     9
 -3.4490136306913319E+00 a      1378     0    58     1    10
  5.8005463268045587E-01 a      1379     0    58     1    11
 -1.9246966023688072E+00 a      1380     0    58     1    12
 -1.9356205855121684E+00 a      1381     0    58     1    13
  5.5375061180220033E+00 a      1382     0    58     1    14
  3.0537832551609490E+00 a      1383     0    58     1    15
  1.4870721128327571E+00 a      1384     0    58     1    16
 -2.7872024834780640E+00 a      1385     0    58     1    17
  1.8310982967128586E-01 a      1386     0    58     1    18
 -6.3605127010778539E-01 a      1387     0    58     1    19
 -8.2993198987347458E+00 a      1388     0    58     1    20
 -2.0724600106334155E+00 a      1389     0    58     1    21
 -1.0870483159543196E+00 a      1390     0    58     1    22
 -1.7189102772685687E+00 a      1391     0    58     1    23
 -7.1991281755497720E+00 a      1392     0    58     1    24
  1.5205498048786492E+01 a      1393     0    59     1     1
  2.5264829687207566E+00 a      1394     0    59     1     2
  4.8353450459989622E+00 a      1395     0    59     1     3
 -6.5130693073139474E+00 a      1396     0    59     1     4
  1.3961314114243892E+00 a      1397     0    59     1     5
  3.9555470242097206E+00 a      1398     0    59     1     6
 -1.1221889772674059E+00 a      1399     0    59     1     7
  8.5155028096234009E+00 a      1400     0    59     1     8
  1.1901292298121245E+01 a      1401     0    59     1     9
 -4.0538922746209511E+00 a      1402     0    59     1    10
  5.3337100312532355E+00 a      1403     0    59     1    11
  6.4876012209255931E+00 a      1404     0    59     1    12
  5.9997736510449295E-01 a      1405     0    59     1    13
  4.2650932081502564E+00 a      1406     0    59     1    14
 -5.1484653552048565E+00 a      1407     0    59     1    15
  3.4035022154030115E-01 a      1408     0    59     1    16
  3.4445808660638622E+00 a      1409     0    59     1    17
 -9.5720572955914598E+00 a      1410     0    59     1    18
  3.1971635536910736E+00 a      1411     0    59     1    19
 -3.2859711868835531E+00 a      1412     0    59     1    20
  1.4330148378395191E+00 a      1413     0    59     1    21
  4.8042462559799777E+00 a      1414     0    59     1    22
  8.2157060431824167E+00 a      1415     0    59     1    23
 -4.6059459414427852E+00 a      1416     0    59     1    24
  1.0039811132766125E+00 a      1417     0    60     1     1
 -1.9715791942162146E+00 a      1418     0    60     1     2
 -1.6363546644364906E+00 a      1419     0    60     1     3
 -5.4785971720215496E+00 a      1420     0    60     1     4
  1.1877399214755144E+00 a      1421     0    60     1     5
 -1.0022955447300714E+00 a      1422     0    60     1     6
  2.7040954649044946E-01 a      1423     0    60     1     7
  3.2705577716554122E+00 a      1424     0    60     1     8
  2.7192037719897106E-02 a      1425     0    60     1     9
 -3.2860823222953117E+00 a      1426     0    60     1    10
  1.3012305561177648E+00 a      1427     0    60     1    11
  8.9581133819103176E+00 a      1428     0    60     1    12
  3.5941660026855243E-01 a      1429     0    60     1    13
  5.5674449308528891E+00 a      1430     0    60     1    14
 -1.7139116137901547E+00 a      1431     0    60     1    15
  4.5254749790906272E+00 a      1432     0    60     1    16
 -1.3556806847624392E+00 a      1433     0    60     1    17
 -5.3856512997560895E+00 a      1434     0    60     1    18
 -8.6242923774682456E-01 a      1435     0    60     1    19
 -4.0642581360090322E+00 a      1436     0    60     1    20
  3.9166767809449645E+00 a      1437     0    60     1    21
 -6.1221084244963944E+00 a      1438     0    60     1    22
 -2.3647126672188921E+00 a      1439     0    60     1    23
 -3.1470915303708953E+00 a      1440     0    60     1    24
 -5.4386921946926332E+00 a      1441     0    61     1     1
 -4.6736186707395602E+00 a      1442     0    61     1     2
  3.0357330577712074E+00 a      1443     0    61     1     3
  4.5051216230732640E+00 a      1444     0    61     1     4
 -1.7146480793174956E-01 a      1445     0    61     1     5
  1.4086954066297024E+00 a      1446     0    61     1     6
 -2.8078912935353060E+00 a      1447     0    61     1     7
 -1.8350025262621172E+00 a      1448     0    61     1     8
  5.0304215127550549E+00 a      1449     0    61     1     9
 -1.0310791759676563E+00 a      1450     0    61     1    10
  1.2806211127669671E+00 a      1451     0    61     1    11
  2.4163388588637287E+00 a      1452     0    61     1    12
 -1.1980503888322189E+00 a      1453     0    61     1    13
 -8.4481376251319751E-01 a      1454     0    61     1    14
 -9.3894205537787345E-01 a      1455     0    61     1    15
 -7.4125863860787167E-01 a      1456     0    61     1    16
  1.3723115521897320E+00 a      1457     0    61     1    17
  3.8117336563728181E+00 a      1458     0    61     1    18
  7.3710249434166430E-01 a      1459     0    61     1    19
  3.2296116955363452E+00 a      1460     0    61     1    20
  1.3596628411635154E+00 a      1461     0    61     1    21
  5.1657601150864325E+00 a      1462     0    61     1    22
  3.8273997798502140E+00 a      1463     0    61     1    23
 -1.3820644033974785E+00 a      1464     0    61     1    24
 -8.9854918914491524E+00 a      1465     0    62     1     1
 -2.1142112890454654E+00 a      1466     0    62     1     2
  7.0360722118881132E+00 a      1467     0    62     1     3
  3.9846589887345361E+00 a      1468     0    62     1     4
  3.8869614723717767E+00 a      1469     0    62     1     5
  2.5156318982138404E-01 a      1470     0    62     1     6
  9.6312010229521106E-01 a      1471     0    62     1     7
 -7.0926692836083065E+00 a      1472     0    62     1     8
  1.4414329383954119E+01 a      1473     0    62     1     9
 -3.6822021043608917E+00 a      1474     0    62     1    10
 -3.3314484905912134E+00 a      1475     0    62     1    11
 -3.8756144154400034E+00 a      1476     0    62     1    12
  5.4970707764224003E-01 a      1477     0    62     1    13
 -4.1856596126008414E+00 a      1478     0    62     1    14
 -8.8682528574228725E-01 a      1479     0    62     1    15
 -2.9996728552223586E+00 a      1480     0    62     1    16
  3.9821884442619329E+00 a      1481     0    62     1    17
  1.8166453553523190E+00 a      1482     0    62     1    18
  6.4806479524133378E+00 a      1483     0    62     1    19
  1.1566806332737137E+01 a      1484     0    62     1    20
  1.7627666897487804E+00 a      1485     0    62     1    21
  3.3911275803871885E+00 a      1486     0    62     1    22
 -1.4493006303459970E+00 a      1487     0    62     1    23
  6.1702573117522359E+00 a      1488     0    62     1    24
  1.7784608009492797E+00 a      1489     0    63     1     1
 -6.0056740037162237E-01 a      1490     0    63     1     2
 -1.6961231125785758E+00 a      1491     0    63     1     3
 -4.9710537171326035E+00 a      1492     0    63     1     4
 -1.5537355002867732E+00 a      1493     0    63     1     5
 -1.2598047249124269E+00 a      1494     0    63     1     6
 -2.4851076594979080E+00 a      1495     0    63     1     7
  1.0643604079973323E+00 a      1496     0    63     1     8
  5.2425587264155626E-01 a      1497     0    63     1     9
 -3.2758269697965350E+00 a      1498     0    63     1    10
  2.4836574006584639E-01 a      1499     0    63     1    11
  6.4182726322011208E-01 a      1500     0    63     1    12
 -3.2891099648183739E+00 a      1501     0    63     1    13
  3.2547483817965457E+00 a      1502     0    63     1    14
 -2.3452224680812988E+00 a      1503     0    63     1    15
  2.8038952737655821E-02 a      1504     0    63     1    16
 -2.5264142357789587E-01 a      1505     0    63     1    17
 -3.6414669529368027E+00 a      1506     0    63     1    18
 -2.1781690341523894E+00 a      1507     0    63     1    19
 -7.3053769198486085E-01 a      1508     0    63     1    20
  3.1984767264291962E+00 a      1509     0    63     1    21
 -1.1798522967792746E+00 a      1510     0    63     1    22
 -2.7947165352640795E+00 a      1511     0    63     1    23
 -3.8350684143944540E+00 a      1512     0    63     1    24
 -1.6816752186734412E+01 a      1513     0    64     1     1
 -7.5327000332783545E+00 a      1514     0    64     1     2
  5.2962308652085017E+00 a      1515     0    64     1     3
  5.3591148796891499E+00 a      1516     0    64     1     4
  5.4177711583221475E+00 a      1517     0    64     1     5
  1.4072917737388191E+00 a      1518     0    64     1     6
 -4.5984501356987852E+00 a      1519     0    64     1     7
 -8.8488690909284244E+00 a      1520     0    64     1     8
  1.2946626397417171E+01 a      1521     0    64     1     9
  5.1133617211528559E+00 a      1522     0    64     1    10
 -2.0010608509280412E+00 a      1523     0    64     1    11
 -1.4779444133786422E+01 a      1524     0    64     1    12
 -6.6530959510772600E+00 a      1525     0    64     1    13
 -2.0396356641436682E+01 a      1526     0    64     1    14
  1.4448663215974650E+01 a      1527     0    64     1    15
 -2.0650437351869817E+00 a      1528     0    64     1    16
 -4.2032713896617251E+00 a      1529     0    64     1    17
  8.2031696418180555E+00 a      1530     0    64     1    18
  9.6258597167621289E+00 a      1531     0    64     1    19
  1.1793969881073645E+01 a      1532     0    64     1    20
 -3.7195648004244936E-01 a      1533     0    64     1    21
  1.6114575499758192E+01 a      1534     0    64     1    22
  1.0314768199025171E+01 a      1535     0    64     1    23
 -1.9484765934184334E+00 a      1536     0    64     1    24
 -1.4597708181868244E-01 b      1537     1     1
 -6.0554314243409547E-02 b      1538     1     2
  4.2811777781146965E-01 b      1539     1     3
  6.0074795539032155E-01 b      1540     1     4
  5.3238561344805302E-01 b      1541     1     5
 -2.9400697303673520E-02 b      1542     1     6
  3.2754928099676489E-01 b      1543     1     7
  2.7804062826130660E-01 b      1544     1     8
  3.1654206651114086E-01 b      1545     1     9
  3.1769568850471663E-01 b      1546     1    10
  6.3005940869313448E-01 b      1547     1    11
  3.4701397463341860E-01 b      1548     1    12
  4.2730603291283870E-01 b      1549     1    13
  5.1499998542927139E-01 b      1550     1    14
  4.0028224954658231E-01 b      1551     1    15
  2.6155634914298359E-01 b      1552     1    16
  3.6369480089825013E-01 b      1553     1    17
  7.1893620140987857E-01 b      1554     1    18
  2.6150598970064964E-01 b      1555     1    19
  1.5237039549187342E-01 b      1556     1    20
  1.4785640450128085E-01 b      1557     1    21
  9.6868385809396429E-01 b      1558     1    22
  1.9260932640411813E-01 b      1559     1    23
  6.8202592088007746E-02 b      1560     1    24
 -7.5572698257868642E-01 a      1561     1     1     2     1
  1.0363053930683395E+00 a      1562     1     1     2     2
 -2.6779534374823921E+00 a      1563     1     1     2     3
 -7.8655887139999769E-01 a      1564     1     1     2     4
  1.4708869408049983E+00 a      1565     1     1     2     5
 -2.4852403509483426E-01 a      1566     1     1     2     6
  4.5791330119366080E-01 a      1567     1     1     2     7
  9.2642091581546815E-01 a      1568     1     1     2     8
  2.4982915722254231E-01 a      1569     1     1     2     9
  6.4315173021162664E-01 a      1570     1     1     2    10
  3.3017445348438645E-01 a      1571     1     1     2    11
  2.7008491070256313E+00 a      1572     1     1     2    12
  4.6122647262512168E-01 a      1573     1     1     2    13
 -8.4675009608379162E-02 a      1574     1     1     2    14
  2.1331396722942917E+00 a      1575     1     1     2    15
 -1.9158206727468458E-02 a      1576     1     1     2    16
 -6.3792814183781077E-01 a      1577     1     1     2    17
 -6.9949503198010055E-01 a      1578     1     1     2    18
 -6.4519970626726431E-02 a      1579     1     1     2    19
 -7.2218627848157690E-01 a      1580     1     1     2    20
  7.5610790522668603E-01 a      1581     1     1     2    21
  4.3153673389863845E-01 a      1582     1     1     2    22
 -6.5423362638218985E-01 a      1583     1     1     2    23
  4.6533929914355510E-01 a      1584     1     1     2    24
  5.1184751765375203E-01 a      1585     1     2     2     1
 -1.3010271153293829E-01 a      1586     1     2     2     2
  1.3638890279055991E+00 a      1587     1     2     2     3
 -5.9678626205946905E-01 a      1588     1     2     2     4
 -1.4633222727483133E+00 a      1589     1     2     2     5
 -5.1150241159011089E-01 a      1590     1     2     2     6
 -8.9894956056190012E-01 a      1591     1     2     2     7
 -1.0894601444607195E+00 a      1592     1     2     2     8
 -5.9442267481120925E-01 a      1593     1     2     2     9
 -1.2847820075542797E+00 a      1594     1     2     2    10
 -8.0408585366182436E-02 a      1595     1     2     2    11
 -4.5990438857354592E+00 a      1596     1     2     2    12
 -4.4021174835590687E-01 a      1597     1     2     2    13
 -2.0645055435295028E+00 a      1598     1     2     2    14
  8.9037311931368024E-01 a      1599     1     2     2    15
  1.2954410006421452E-01 a      1600     1     2     2    16
 -1.6046113079957225E-01 a      1601     1     2     2    17
 -1.9315594634943503E+00 a      1602     1     2     2    18
  1.8770032095944514E-01 a      1603     1     2     2    19
  1.5233156826749431E-01 a      1604     1     2     2    20
 -7.1697990028398007E-01 a      1605     1     2     2    21
  1.8752132348456446E-01 a      1606     1     2     2    22
  1.2114260517116779E+00 a      1607     1     2     2    23
  7.7549019312627490E-02 a      1608     1     2     2    24
  2.4613340424067466E-02 a      1609     1     3     2     1
  3.2797546146348755E-01 a      1610     1     3     2     2
  1.2767702750061458E+00 a      1611     1     3     2     3
 -6.3429005686414491E-02 a      1612     1     3     2     4
 -8.4058115398344024E-01 a      1613     1     3     2     5
  1.0733700167216996E-01 a      1614     1     3     2     6
 -1.6221728400255936E-01 a      1615     1     3     2     7
 -9.1706636879154735E-01 a      1616     1     3     2     8
  2.3131661562198019E-01 a      1617     1     3     2     9
  6.5076569757863623E-01 a      1618     1     3     2    10
 -2.0909222103169581E-01 a      1619     1     3     2    11
  1.3242502568379522E+00 a      1620     1     3     2    12
 -3.1473258526771596E-03 a      1621     1     3     2    13
 -1.1794466069762745E-01 a      1622     1     3     2    14
  1.2224492039156296E-01 a      1623     1     3     2    15
 -2.3656020514587053E-01 a      1624     1     3     2    16
  5.3662178616377942E-01 a      1625     1     3     2    17
  2.1487818466217594E+00 a      1626     1     3     2    18
  3.8783009527820556E-01 a      1627     1     3     2    19
