################################################################################
# Neural network connection values (weights and biases).
################################################################################
# Col  Name       Description
################################################################################
# 1    connection Neural network connection value.
# 2    t          Connection type (a = weight, b = bias).
# 3    index      Index enumerating weights.
# 4    l_s        Starting point layer (end point layer for biases).
# 5    n_s        Starting point neuron in starting layer (end point neuron for biases).
# 6    l_e        End point layer.
# 7    n_e        End point neuron in end layer.
################################################################################
#                      1 2         3     4     5     6     7
#             connection t     index   l_s   n_s   l_e   n_e
############################################################
  1.2070319608128557E+01 a         1     0     1     1     1
  6.8870295146270877E-01 a         2     0     1     1     2
  3.5250510637005776E+00 a         3     0     1     1     3
 -7.1933838424422465E+00 a         4     0     1     1     4
  4.0264329875944915E-02 a         5     0     1     1     5
 -9.6840945939240566E+00 a         6     0     1     1     6
 -2.1089781073431126E+00 a         7     0     1     1     7
  4.1034903490983181E+00 a         8     0     1     1     8
 -2.9082766686609616E+00 a         9     0     1     1     9
 -6.8565813886363616E+00 a        10     0     1     1    10
  8.8774767668530563E-01 a        11     0     1     1    11
  1.5749857175141615E+00 a        12     0     1     1    12
 -6.2470982909297970E+00 a        13     0     1     1    13
 -1.0044715652929979E+00 a        14     0     1     1    14
  1.4264394529195729E-01 a        15     0     1     1    15
  7.7602809746289978E+00 a        16     0     1     1    16
  9.2651657077505991E+00 a        17     0     1     1    17
  4.2684433545464923E-01 a        18     0     1     1    18
 -6.9978562575661813E+00 a        19     0     1     1    19
  2.0827073634848330E+00 a        20     0     1     1    20
 -4.9525442047232877E+00 a        21     0     1     1    21
  5.7942072829673696E+00 a        22     0     1     1    22
 -1.4378255923593357E+00 a        23     0     1     1    23
 -3.7515456565666438E+00 a        24     0     1     1    24
 -7.5007182546600915E-01 a        25     0     2     1     1
  3.6490545126873736E-01 a        26     0     2     1     2
  1.3713678993209524E+00 a        27     0     2     1     3
  3.5193621784469027E+00 a        28     0     2     1     4
 -2.5023164902687339E-01 a        29     0     2     1     5
  4.7970352904580817E+00 a        30     0     2     1     6
  9.8467714186980038E-01 a        31     0     2     1     7
 -3.6453207182392444E+00 a        32     0     2     1     8
  1.5872120671020566E+00 a        33     0     2     1     9
  2.0180659103169578E+00 a        34     0     2     1    10
 -1.8206657379599683E-01 a        35     0     2     1    11
  4.1750409248897107E+00 a        36     0     2     1    12
 -5.6402869878239381E-01 a        37     0     2     1    13
  1.6805689122950432E-01 a        38     0     2     1    14
  1.7611853429352875E+00 a        39     0     2     1    15
 -4.2867973206132665E-01 a        40     0     2     1    16
 -3.5721430846217044E+00 a        41     0     2     1    17
 -1.8345962130507168E-01 a        42     0     2     1    18
  3.1921598572880030E+00 a        43     0     2     1    19
 -1.2099469479465776E+00 a        44     0     2     1    20
 -2.6365825388257663E-01 a        45     0     2     1    21
 -2.6819232727564479E+00 a        46     0     2     1    22
  1.5195949422557742E-01 a        47     0     2     1    23
  6.9579430711680788E+00 a        48     0     2     1    24
  9.8877861317643323E-01 a        49     0     3     1     1
 -8.7852214776153803E-01 a        50     0     3     1     2
  6.8464418958714424E-01 a        51     0     3     1     3
 -6.8604061161464713E-01 a        52     0     3     1     4
 -1.0990352391676721E+00 a        53     0     3     1     5
  2.2839993176560718E+00 a        54     0     3     1     6
  4.6697243488931872E-01 a        55     0     3     1     7
 -3.9270193045157593E+00 a        56     0     3     1     8
  8.5992360776153776E-01 a        57     0     3     1     9
  4.4143075051118336E-01 a        58     0     3     1    10
  1.2773930609887166E-01 a        59     0     3     1    11
  1.1113889038620162E+00 a        60     0     3     1    12
 -9.7889673049850812E-01 a        61     0     3     1    13
  1.7673445765119150E-01 a        62     0     3     1    14
  1.5478358076094481E+00 a        63     0     3     1    15
  2.8215413311641117E-02 a        64     0     3     1    16
 -2.6533061894604204E+00 a        65     0     3     1    17
  6.0651155240960757E-02 a        66     0     3     1    18
  1.8638415943626212E+00 a        67     0     3     1    19
  4.7120189605351123E-02 a        68     0     3     1    20
 -1.1434532738194056E+00 a        69     0     3     1    21
  1.7527755170047105E-01 a        70     0     3     1    22
  7.5927375013308385E-01 a        71     0     3     1    23
  1.5173662537691368E+00 a        72     0     3     1    24
 -1.0373986515177775E+00 a        73     0     4     1     1
  1.4428936840313187E+00 a        74     0     4     1     2
  4.2188748733702068E+00 a        75     0     4     1     3
 -2.8474103419518229E+00 a        76     0     4     1     4
  5.1735087612198680E-02 a        77     0     4     1     5
  3.5631577003829251E-01 a        78     0     4     1     6
 -1.6964924240284318E+00 a        79     0     4     1     7
 -2.5534544247592099E+00 a        80     0     4     1     8
  1.7049332856356698E+00 a        81     0     4     1     9
  2.2871939987362429E+00 a        82     0     4     1    10
 -1.4056272745182650E+00 a        83     0     4     1    11
 -2.8736275789601007E+00 a        84     0     4     1    12
 -2.4045502237855283E+00 a        85     0     4     1    13
  8.8966771584795035E-01 a        86     0     4     1    14
  1.0823879037643551E+00 a        87     0     4     1    15
 -7.7219952893415333E-01 a        88     0     4     1    16
  1.0101211861084553E-02 a        89     0     4     1    17
  2.1419088616801072E+00 a        90     0     4     1    18
  2.1076920782956657E-01 a        91     0     4     1    19
 -9.6760258294768930E-01 a        92     0     4     1    20
  8.5316759911354811E-01 a        93     0     4     1    21
 -4.1192393429483670E-01 a        94     0     4     1    22
  2.0757236558143308E+00 a        95     0     4     1    23
 -1.9119136584067362E+00 a        96     0     4     1    24
 -3.1633054665073101E-02 a        97     0     5     1     1
  5.0395610824648673E-01 a        98     0     5     1     2
 -4.7334226952603525E-01 a        99     0     5     1     3
 -3.8371591665343407E-01 a       100     0     5     1     4
  2.7536369560148088E-01 a       101     0     5     1     5
 -8.3254983891656476E-01 a       102     0     5     1     6
 -8.5155408378139369E-02 a       103     0     5     1     7
  1.2874379626724370E+00 a       104     0     5     1     8
  1.1051420432843627E-01 a       105     0     5     1     9
  6.5374869885216638E-02 a       106     0     5     1    10
  6.7974705943096514E-01 a       107     0     5     1    11
 -1.0728779694747506E+00 a       108     0     5     1    12
  9.5602815330010127E-01 a       109     0     5     1    13
  3.3400776239963387E-01 a       110     0     5     1    14
 -6.8885973991241911E-01 a       111     0     5     1    15
 -5.6763287710797572E-01 a       112     0     5     1    16
  1.2392033915602696E+00 a       113     0     5     1    17
 -3.6629090581004814E-01 a       114     0     5     1    18
 -4.0577235031907233E-01 a       115     0     5     1    19
  5.5469570884136266E-01 a       116     0     5     1    20
  3.5991631298736915E-01 a       117     0     5     1    21
  1.4702241069354685E-01 a       118     0     5     1    22
  9.5532694082916925E-02 a       119     0     5     1    23
 -1.2763741698646733E+00 a       120     0     5     1    24
  8.7588966810424917E-01 a       121     0     6     1     1
 -8.5023679170592303E-01 a       122     0     6     1     2
 -9.1931036069606309E-01 a       123     0     6     1     3
  1.2931051462328214E+00 a       124     0     6     1     4
 -6.0109405613053912E-01 a       125     0     6     1     5
 -1.2588792549467639E-01 a       126     0     6     1     6
  1.0923923006177030E+00 a       127     0     6     1     7
  1.0353125920202899E+00 a       128     0     6     1     8
 -7.5681898412782289E-01 a       129     0     6     1     9
 -1.1302342328726263E+00 a       130     0     6     1    10
  5.0188396281981162E-01 a       131     0     6     1    11
  1.2370861499780028E+00 a       132     0     6     1    12
  5.7159208309135590E-01 a       133     0     6     1    13
 -5.9722270835691427E-02 a       134     0     6     1    14
 -2.9284762513160906E-01 a       135     0     6     1    15
 -4.6993682443291163E-02 a       136     0     6     1    16
  3.8439129865622551E-01 a       137     0     6     1    17
 -1.3431439374360614E+00 a       138     0     6     1    18
  1.8757113919176013E-01 a       139     0     6     1    19
  1.1366862126099966E+00 a       140     0     6     1    20
 -5.5518590761904363E-01 a       141     0     6     1    21
  4.9406706086368651E-01 a       142     0     6     1    22
 -4.8948204698165465E-01 a       143     0     6     1    23
  1.0117908036539718E+00 a       144     0     6     1    24
 -3.8619662641232566E+01 a       145     0     7     1     1
 -2.0787712138980829E+01 a       146     0     7     1     2
 -1.2975180827007447E+01 a       147     0     7     1     3
  1.2677849999258449E+01 a       148     0     7     1     4
  2.8965206961491119E+00 a       149     0     7     1     5
  1.8477323578908003E+01 a       150     0     7     1     6
 -1.1487428304266841E+01 a       151     0     7     1     7
 -1.5095493607605563E+01 a       152     0     7     1     8
  2.1646164443345266E+00 a       153     0     7     1     9
  1.0324555079158161E+01 a       154     0     7     1    10
  3.8414509164132715E+00 a       155     0     7     1    11
 -1.4467138533645619E+01 a       156     0     7     1    12
  2.4802971205604589E+01 a       157     0     7     1    13
 -1.1429022328058334E+01 a       158     0     7     1    14
 -1.5796424059885208E+00 a       159     0     7     1    15
 -9.6618480649806990E+00 a       160     0     7     1    16
 -1.3405928029679787E+01 a       161     0     7     1    17
 -3.6621475686729427E-01 a       162     0     7     1    18
  2.2742868194959144E+01 a       163     0     7     1    19
 -2.2747322600871986E+00 a       164     0     7     1    20
  1.7309312782000106E+01 a       165     0     7     1    21
  3.4646752032940960E+00 a       166     0     7     1    22
  1.8250253416180036E+00 a       167     0     7     1    23
 -1.3821699195810172E+01 a       168     0     7     1    24
  8.7783323012267758E+00 a       169     0     8     1     1
 -9.1489577297062716E+00 a       170     0     8     1     2
 -1.1333266535039579E+01 a       171     0     8     1     3
  1.2022702056775730E+01 a       172     0     8     1     4
  4.3422851130168905E+00 a       173     0     8     1     5
  6.1598567315232584E+00 a       174     0     8     1     6
  1.1385515918100186E+01 a       175     0     8     1     7
  2.6555568883258275E+01 a       176     0     8     1     8
 -1.7432640817455752E+01 a       177     0     8     1     9
 -1.2555741070548812E+01 a       178     0     8     1    10
  4.0620682846877837E-01 a       179     0     8     1    11
  2.2580455524421875E+01 a       180     0     8     1    12
 -7.6772801939353856E+00 a       181     0     8     1    13
 -1.4897981521321297E+01 a       182     0     8     1    14
 -1.2465995938484554E+01 a       183     0     8     1    15
 -4.1058695503542009E-01 a       184     0     8     1    16
 -2.1439789165960348E+00 a       185     0     8     1    17
 -3.1759116152935992E+01 a       186     0     8     1    18
  1.0541659631061657E+01 a       187     0     8     1    19
  1.4251139791372518E+01 a       188     0     8     1    20
 -4.9377627480328172E+00 a       189     0     8     1    21
  1.8307185008603273E+01 a       190     0     8     1    22
 -8.1380544156557786E+00 a       191     0     8     1    23
 -1.1616295148863285E+01 a       192     0     8     1    24
  1.0520837448394527E+01 a       193     0     9     1     1
  4.5001603358688094E+01 a       194     0     9     1     2
  1.3509752873116351E+01 a       195     0     9     1     3
  2.6970561734938311E+01 a       196     0     9     1     4
  2.7111200358241074E+01 a       197     0     9     1     5
  8.2316434581691293E+00 a       198     0     9     1     6
  4.1462760086299014E+01 a       199     0     9     1     7
  1.0049790101129570E+01 a       200     0     9     1     8
  8.7010277652980736E+00 a       201     0     9     1     9
  3.2876538917707855E+01 a       202     0     9     1    10
 -2.6238636520546827E+01 a       203     0     9     1    11
  4.1778995359644409E+00 a       204     0     9     1    12
  1.1350442784991399E+01 a       205     0     9     1    13
  2.1128985476302264E+00 a       206     0     9     1    14
  2.7439962953740586E+01 a       207     0     9     1    15
 -2.5429682000011088E+01 a       208     0     9     1    16
  3.2563239389669620E+00 a       209     0     9     1    17
 -3.5034404355226293E+01 a       210     0     9     1    18
 -2.3639072142642352E+01 a       211     0     9     1    19
  6.1972178776718803E+00 a       212     0     9     1    20
 -7.3453034609284318E+00 a       213     0     9     1    21
  4.9898021341225665E+00 a       214     0     9     1    22
  1.1325558817183973E+01 a       215     0     9     1    23
 -3.0247584171091322E+01 a       216     0     9     1    24
  2.8271557200644146E+00 a       217     0    10     1     1
 -2.3105597583740569E+00 a       218     0    10     1     2
  4.4802870587880500E-01 a       219     0    10     1     3
  3.9475237747765668E-01 a       220     0    10     1     4
  3.4288083938564888E+00 a       221     0    10     1     5
 -2.1090974285644863E+00 a       222     0    10     1     6
 -9.3710850930006249E+00 a       223     0    10     1     7
  4.2677947958445978E-01 a       224     0    10     1     8
  3.0202933389431590E+00 a       225     0    10     1     9
 -3.5153831969546361E+00 a       226     0    10     1    10
  3.7649932182248896E-01 a       227     0    10     1    11
 -3.1369276572538712E-01 a       228     0    10     1    12
 -1.4930249957705417E+00 a       229     0    10     1    13
 -2.0346724987661351E+00 a       230     0    10     1    14
 -6.0155776772636438E-01 a       231     0    10     1    15
  2.1588658138366754E+00 a       232     0    10     1    16
 -2.0237679668445945E+00 a       233     0    10     1    17
 -6.0155180797654573E-01 a       234     0    10     1    18
 -1.4897339355457893E+00 a       235     0    10     1    19
  3.7885515014386204E+00 a       236     0    10     1    20
 -3.8061629350162213E-01 a       237     0    10     1    21
  3.8981874961856398E+00 a       238     0    10     1    22
  2.8184517501315689E+00 a       239     0    10     1    23
  2.0424224308868908E+00 a       240     0    10     1    24
 -5.8906371802749014E-01 a       241     0    11     1     1
  2.0477057928285078E+00 a       242     0    11     1     2
  4.8682389717670747E+00 a       243     0    11     1     3
 -3.3477924478917781E-01 a       244     0    11     1     4
 -2.6125980236557272E-01 a       245     0    11     1     5
  4.2911251457192554E+00 a       246     0    11     1     6
 -5.5663424958507592E+00 a       247     0    11     1     7
 -8.6756025047607632E-01 a       248     0    11     1     8
  3.2216725298153270E+00 a       249     0    11     1     9
  9.7744789940907895E-01 a       250     0    11     1    10
  4.4122479069668841E-01 a       251     0    11     1    11
  8.6233542790857520E-01 a       252     0    11     1    12
 -3.9704348367025490E+00 a       253     0    11     1    13
 -4.9375511961726648E+00 a       254     0    11     1    14
  1.0406826239624420E+00 a       255     0    11     1    15
 -3.8270249948377716E-01 a       256     0    11     1    16
  2.3339179162906420E+00 a       257     0    11     1    17
  9.1050744837282782E-01 a       258     0    11     1    18
  1.7416381374037737E+00 a       259     0    11     1    19
 -1.3677469287438755E+00 a       260     0    11     1    20
 -3.6748872208051457E+00 a       261     0    11     1    21
 -6.2859697230478035E+00 a       262     0    11     1    22
  1.8099925241657822E+00 a       263     0    11     1    23
 -1.6045317048633827E+00 a       264     0    11     1    24
  9.3846950204645516E+00 a       265     0    12     1     1
 -5.0231770077700197E+00 a       266     0    12     1     2
  1.7706039824029374E+00 a       267     0    12     1     3
 -2.2868608097681857E+00 a       268     0    12     1     4
 -3.6000700490120550E+00 a       269     0    12     1     5
 -5.8178045008712387E-01 a       270     0    12     1     6
  3.0761411947313633E-01 a       271     0    12     1     7
 -2.7143616815126137E+00 a       272     0    12     1     8
 -4.6173586261085307E+00 a       273     0    12     1     9
 -4.3419741312434459E+00 a       274     0    12     1    10
 -2.7340077208900420E+00 a       275     0    12     1    11
 -4.1204104171232131E-01 a       276     0    12     1    12
 -3.7305133890483839E+00 a       277     0    12     1    13
 -3.5621607745785973E+00 a       278     0    12     1    14
  1.6794059289386161E+00 a       279     0    12     1    15
  3.8720881790017101E+00 a       280     0    12     1    16
  3.9855517738658088E+00 a       281     0    12     1    17
  7.3644776464601336E-01 a       282     0    12     1    18
 -2.9299965963928423E+00 a       283     0    12     1    19
 -2.4105308495529680E+00 a       284     0    12     1    20
 -2.7485988040268401E+00 a       285     0    12     1    21
  4.0094252931670091E+00 a       286     0    12     1    22
 -2.4675389294232710E+00 a       287     0    12     1    23
  3.6758939716939232E-01 a       288     0    12     1    24
 -1.4724617114098331E+00 a       289     0    13     1     1
  2.6778387357801874E+00 a       290     0    13     1     2
  5.2256098511148688E+00 a       291     0    13     1     3
 -3.5891597257489090E+00 a       292     0    13     1     4
 -2.5911836074871175E+00 a       293     0    13     1     5
  5.7096867371070603E+00 a       294     0    13     1     6
  1.5883257607410282E+00 a       295     0    13     1     7
 -5.6100821426174363E+00 a       296     0    13     1     8
 -1.4024246294761351E+00 a       297     0    13     1     9
  5.2643425352983177E+00 a       298     0    13     1    10
 -2.4076446157942524E-01 a       299     0    13     1    11
 -3.6010151568772049E+00 a       300     0    13     1    12
 -3.6828295012466410E+00 a       301     0    13     1    13
 -9.3566214303286932E-02 a       302     0    13     1    14
 -7.5501360843162901E-01 a       303     0    13     1    15
 -3.8371310966598932E-01 a       304     0    13     1    16
 -4.4062467047034071E+00 a       305     0    13     1    17
  1.0566385054412968E+00 a       306     0    13     1    18
  6.9096698958935043E-01 a       307     0    13     1    19
 -5.1480720591971050E+00 a       308     0    13     1    20
  3.6046206070258164E+00 a       309     0    13     1    21
 -1.8248929696991421E+00 a       310     0    13     1    22
 -1.6231684550151222E+00 a       311     0    13     1    23
 -4.7709973625172335E+00 a       312     0    13     1    24
 -1.6290827770555492E+01 a       313     0    14     1     1
  8.9676769449228144E-01 a       314     0    14     1     2
 -7.5297817551254882E+00 a       315     0    14     1     3
  4.0454386725887383E+00 a       316     0    14     1     4
 -2.0156533090037434E+00 a       317     0    14     1     5
  9.3776828743896665E+00 a       318     0    14     1     6
  1.9338513495660088E+00 a       319     0    14     1     7
 -8.4329929363186142E+00 a       320     0    14     1     8
  1.6520927539166197E+00 a       321     0    14     1     9
  4.6980850951180253E+00 a       322     0    14     1    10
  1.7220012944379264E+00 a       323     0    14     1    11
 -9.3032319123360470E+00 a       324     0    14     1    12
  7.9317307408541708E+00 a       325     0    14     1    13
  3.9735253034947016E-01 a       326     0    14     1    14
 -3.6174814015851864E-01 a       327     0    14     1    15
 -1.2861163721403786E+01 a       328     0    14     1    16
 -8.2103442888372165E+00 a       329     0    14     1    17
 -4.3354871171905591E+00 a       330     0    14     1    18
  3.0862585074573534E+00 a       331     0    14     1    19
  4.4830836442989686E-01 a       332     0    14     1    20
 -1.7958728400009358E+00 a       333     0    14     1    21
  1.2656428031259463E+00 a       334     0    14     1    22
  6.8319014007517698E+00 a       335     0    14     1    23
 -2.1113423597920233E+00 a       336     0    14     1    24
  3.4370044786047456E+00 a       337     0    15     1     1
 -6.1051693913616267E+00 a       338     0    15     1     2
 -8.7629118882666575E+00 a       339     0    15     1     3
  4.5422155851090347E+00 a       340     0    15     1     4
  1.3128168255867319E+00 a       341     0    15     1     5
  1.2829874151959848E+00 a       342     0    15     1     6
  8.3745018555871980E+00 a       343     0    15     1     7
  1.3991994052152320E+01 a       344     0    15     1     8
 -4.6072291402275747E+00 a       345     0    15     1     9
 -6.3372330819240776E+00 a       346     0    15     1    10
 -2.2567488550389814E+00 a       347     0    15     1    11
  1.8852484082845273E+00 a       348     0    15     1    12
  5.7285245301614660E+00 a       349     0    15     1    13
 -3.3941278975213813E+00 a       350     0    15     1    14
 -2.3953172643040914E+00 a       351     0    15     1    15
 -2.1536577158308789E+00 a       352     0    15     1    16
  5.3675998365970274E+00 a       353     0    15     1    17
 -8.5530889308195199E+00 a       354     0    15     1    18
 -2.9371315532582747E+00 a       355     0    15     1    19
  7.4430284964308493E+00 a       356     0    15     1    20
 -1.9952993457708341E+00 a       357     0    15     1    21
  6.8216933400530930E+00 a       358     0    15     1    22
  6.8631498104728539E-01 a       359     0    15     1    23
  7.4817835811621825E-01 a       360     0    15     1    24
 -1.8946599979914385E+01 a       361     0    16     1     1
 -1.7514940064197397E+01 a       362     0    16     1     2
  1.8438269095128977E+01 a       363     0    16     1     3
 -3.0617668642978842E+01 a       364     0    16     1     4
 -1.8086667486820051E+01 a       365     0    16     1     5
 -2.9249887356898419E+01 a       366     0    16     1     6
  5.5661020546646739E+01 a       367     0    16     1     7
  2.7842751475765130E+01 a       368     0    16     1     8
 -3.4665888010740051E+00 a       369     0    16     1     9
 -2.6452858050353409E+01 a       370     0    16     1    10
  2.6145362274104688E+01 a       371     0    16     1    11
  1.7926124273987245E+01 a       372     0    16     1    12
 -2.0760890173933799E+01 a       373     0    16     1    13
 -2.0875137125976462E+01 a       374     0    16     1    14
 -7.7501463493574994E+00 a       375     0    16     1    15
  4.4216480714375614E+01 a       376     0    16     1    16
 -3.4459093038236399E+00 a       377     0    16     1    17
  1.4595746575607016E+01 a       378     0    16     1    18
  2.8962450706799928E+01 a       379     0    16     1    19
 -4.8279012949859474E+00 a       380     0    16     1    20
 -3.3039711161836351E+01 a       381     0    16     1    21
 -2.7999394016880192E+01 a       382     0    16     1    22
 -6.4178066985216077E+01 a       383     0    16     1    23
  2.9599815485532517E+01 a       384     0    16     1    24
  6.2861364672518452E+00 a       385     0    17     1     1
 -1.6131281273593366E+01 a       386     0    17     1     2
 -1.3735831256322555E+01 a       387     0    17     1     3
  2.0212725801138031E+01 a       388     0    17     1     4
 -2.9458175008783707E+00 a       389     0    17     1     5
  3.0265811869846870E+00 a       390     0    17     1     6
  7.0491340661581592E-01 a       391     0    17     1     7
 -5.4985583308397612E-01 a       392     0    17     1     8
 -4.4994238347359854E+00 a       393     0    17     1     9
 -5.4030625210179997E+00 a       394     0    17     1    10
  1.4767365007603987E+01 a       395     0    17     1    11
 -1.8748004333286431E+01 a       396     0    17     1    12
  2.3832563167006736E+01 a       397     0    17     1    13
 -2.4626227569913762E+01 a       398     0    17     1    14
  3.6997952816854983E+01 a       399     0    17     1    15
  1.5656697487717071E+01 a       400     0    17     1    16
  6.3760068166984709E+00 a       401     0    17     1    17
  2.2220867848825225E+01 a       402     0    17     1    18
  6.6663513253513695E+00 a       403     0    17     1    19
 -1.8887606908077061E+01 a       404     0    17     1    20
  1.5797436108501056E+01 a       405     0    17     1    21
 -1.3093365746127500E+01 a       406     0    17     1    22
  1.3530937801117362E+01 a       407     0    17     1    23
  1.8239525507535387E+01 a       408     0    17     1    24
  2.7014801230155072E+01 a       409     0    18     1     1
  8.4663788431814950E+00 a       410     0    18     1     2
 -2.2080811583286426E+01 a       411     0    18     1     3
 -1.1776068333910670E+01 a       412     0    18     1     4
 -2.8605760744746263E+01 a       413     0    18     1     5
 -5.2955963327961153E-01 a       414     0    18     1     6
 -5.7233432992229822E+01 a       415     0    18     1     7
  4.3133741382080855E+00 a       416     0    18     1     8
 -1.0484828147542496E+01 a       417     0    18     1     9
 -2.6539556880118344E+01 a       418     0    18     1    10
  3.7389599759901735E+00 a       419     0    18     1    11
 -1.2677429288132345E+01 a       420     0    18     1    12
 -2.0504887459685122E+01 a       421     0    18     1    13
  4.3851709353468927E+01 a       422     0    18     1    14
 -3.8929736072490066E+01 a       423     0    18     1    15
 -1.8839383937879564E+01 a       424     0    18     1    16
  7.2640304491387520E-01 a       425     0    18     1    17
  2.9572795449006730E+01 a       426     0    18     1    18
 -2.9702050367679384E+01 a       427     0    18     1    19
 -3.9282483170635558E+00 a       428     0    18     1    20
  1.2917199323251456E+01 a       429     0    18     1    21
 -1.2496684734721079E+01 a       430     0    18     1    22
  3.6173380277846618E+01 a       431     0    18     1    23
  4.5595219567983079E+01 a       432     0    18     1    24
 -1.1956781617354560E+01 a       433     0    19     1     1
  1.5378123924235078E+01 a       434     0    19     1     2
 -1.4136538026717254E+01 a       435     0    19     1     3
 -8.1557597687054866E+00 a       436     0    19     1     4
 -6.3741329450522697E+00 a       437     0    19     1     5
 -1.8238621904235696E+01 a       438     0    19     1     6
  6.2558293715644239E-02 a       439     0    19     1     7
 -1.7109426530407028E+01 a       440     0    19     1     8
  2.0786291408233012E+01 a       441     0    19     1     9
 -5.1369662497877844E+00 a       442     0    19     1    10
 -5.7986788254675714E+00 a       443     0    19     1    11
 -1.1812615669173457E+01 a       444     0    19     1    12
  2.6139433216318523E+01 a       445     0    19     1    13
  3.5337890683261911E+01 a       446     0    19     1    14
 -4.0414996046384362E+00 a       447     0    19     1    15
 -1.0237247957732742E+00 a       448     0    19     1    16
  9.8230384260512373E+00 a       449     0    19     1    17
  3.1761271239212412E+01 a       450     0    19     1    18
 -3.1944785864829399E+01 a       451     0    19     1    19
 -1.5926209202577812E+00 a       452     0    19     1    20
 -2.0931213157591710E+01 a       453     0    19     1    21
 -1.1994636004230955E+01 a       454     0    19     1    22
  4.2652427325132178E+00 a       455     0    19     1    23
  3.3557945759677374E+01 a       456     0    19     1    24
 -8.4305271351949124E-02 a       457     0    20     1     1
  2.4134497278223712E+00 a       458     0    20     1     2
 -1.8263583316928544E+00 a       459     0    20     1     3
  6.6226747390854888E+00 a       460     0    20     1     4
  8.0490998494254402E+00 a       461     0    20     1     5
  4.1909741329391483E+00 a       462     0    20     1     6
 -9.8548588367804122E+00 a       463     0    20     1     7
 -6.7412970639503813E+00 a       464     0    20     1     8
  3.0085174330086795E+00 a       465     0    20     1     9
  5.9340265383347228E+00 a       466     0    20     1    10
 -1.1151367903656042E+00 a       467     0    20     1    11
 -4.5478717540542091E-01 a       468     0    20     1    12
  5.4623403886125903E+00 a       469     0    20     1    13
  3.9796265966654087E-02 a       470     0    20     1    14
  5.8580361524342246E+00 a       471     0    20     1    15
 -5.7240285797395076E+00 a       472     0    20     1    16
 -2.3925296143534044E-01 a       473     0    20     1    17
 -6.0134282099627576E+00 a       474     0    20     1    18
 -4.6110583901015216E+00 a       475     0    20     1    19
  1.9703086581457350E+00 a       476     0    20     1    20
  3.8496013631421171E+00 a       477     0    20     1    21
  8.4699347993665484E+00 a       478     0    20     1    22
  1.1906962302847415E+01 a       479     0    20     1    23
 -7.3488229757009602E+00 a       480     0    20     1    24
  4.6884141425160336E-01 a       481     0    21     1     1
  3.1626510351719861E+00 a       482     0    21     1     2
  5.7829384860602477E+00 a       483     0    21     1     3
 -2.1746727778741479E+00 a       484     0    21     1     4
  2.0161733201066737E-01 a       485     0    21     1     5
  5.0474755577544244E+00 a       486     0    21     1     6
  6.9490980832738053E-02 a       487     0    21     1     7
 -4.4361107809955369E-01 a       488     0    21     1     8
  9.4684696393109535E-01 a       489     0    21     1     9
  1.8003799071894917E+00 a       490     0    21     1    10
 -2.3916614375002827E+00 a       491     0    21     1    11
  5.5463337153500936E+00 a       492     0    21     1    12
 -8.6052645755736830E+00 a       493     0    21     1    13
 -4.8547185337899401E-01 a       494     0    21     1    14
 -2.8813686662811717E+00 a       495     0    21     1    15
 -2.7265184890054202E+00 a       496     0    21     1    16
 -3.4109644480003187E-01 a       497     0    21     1    17
 -5.0363719498072212E+00 a       498     0    21     1    18
  2.4599258141575566E+00 a       499     0    21     1    19
  2.2302573041156042E+00 a       500     0    21     1    20
 -4.6057271505679864E+00 a       501     0    21     1    21
 -2.2894676370170713E-01 a       502     0    21     1    22
  4.9688432978197394E-01 a       503     0    21     1    23
 -1.8015809998674375E+00 a       504     0    21     1    24
 -4.0547885979813486E+01 a       505     0    22     1     1
  7.0673551696651344E+00 a       506     0    22     1     2
  1.2062860028198802E+01 a       507     0    22     1     3
 -5.2178351342429616E+00 a       508     0    22     1     4
  4.8837336087759224E+00 a       509     0    22     1     5
 -1.3481709697594761E+01 a       510     0    22     1     6
 -1.0003835992163141E+01 a       511     0    22     1     7
 -2.0677105616264971E+01 a       512     0    22     1     8
  2.0968498856603226E+01 a       513     0    22     1     9
  2.8414667601987468E+01 a       514     0    22     1    10
  4.1331831276780974E+01 a       515     0    22     1    11
  3.0302815315658130E+01 a       516     0    22     1    12
  5.2165834507716200E+00 a       517     0    22     1    13
  1.2640417086019934E+01 a       518     0    22     1    14
  1.8243164714495105E+01 a       519     0    22     1    15
  7.8188175824839696E+00 a       520     0    22     1    16
  3.1061964357408698E+01 a       521     0    22     1    17
  2.2925947831919111E+00 a       522     0    22     1    18
  2.6761745465309499E+01 a       523     0    22     1    19
 -2.8743341066205819E+00 a       524     0    22     1    20
  1.9894120665581532E+01 a       525     0    22     1    21
 -7.0996120956152078E+00 a       526     0    22     1    22
  1.3390053568740420E+01 a       527     0    22     1    23
 -2.0138336397920536E+01 a       528     0    22     1    24
  3.8114571262997732E-01 a       529     0    23     1     1
 -8.6366588092718217E+00 a       530     0    23     1     2
  4.7868515341969564E+00 a       531     0    23     1     3
 -1.0943541354789419E+01 a       532     0    23     1     4
  1.1885702276191930E+01 a       533     0    23     1     5
 -2.7057822596316097E+01 a       534     0    23     1     6
 -2.3044279741503995E+00 a       535     0    23     1     7
 -6.8531670282972703E+00 a       536     0    23     1     8
  3.9152105798765637E+00 a       537     0    23     1     9
  6.8755053274722222E+00 a       538     0    23     1    10
 -1.8611586593479878E+01 a       539     0    23     1    11
  4.0425994320229561E+00 a       540     0    23     1    12
  8.2190417806686504E+00 a       541     0    23     1    13
  2.4917629140230567E+01 a       542     0    23     1    14
 -1.2846469469633279E+00 a       543     0    23     1    15
 -1.6187856068846383E+01 a       544     0    23     1    16
  5.0020139304226250E+00 a       545     0    23     1    17
 -6.9534976490819869E+00 a       546     0    23     1    18
  1.7938124441583103E+00 a       547     0    23     1    19
  5.4141442876673382E+00 a       548     0    23     1    20
  1.6983269089802100E+00 a       549     0    23     1    21
  1.9685528831148520E+01 a       550     0    23     1    22
 -5.1770378144923379E+00 a       551     0    23     1    23
  1.0786407372070835E+01 a       552     0    23     1    24
  1.7195126623361180E+01 a       553     0    24     1     1
 -3.0955487513741966E+00 a       554     0    24     1     2
 -4.1455965432508393E+00 a       555     0    24     1     3
  5.2666306391906401E+00 a       556     0    24     1     4
 -4.8296248637300900E+00 a       557     0    24     1     5
  1.4842702616568804E+01 a       558     0    24     1     6
  1.5359520035211926E+01 a       559     0    24     1     7
  3.4402728768117314E+00 a       560     0    24     1     8
 -1.3698921334749411E+01 a       561     0    24     1     9
 -2.4706957136165322E+00 a       562     0    24     1    10
 -2.7225103824135314E+01 a       563     0    24     1    11
 -1.6045832518101456E+01 a       564     0    24     1    12
  4.5468712010661987E+00 a       565     0    24     1    13
 -6.8972788010520700E+00 a       566     0    24     1    14
 -4.1480243325533852E+00 a       567     0    24     1    15
 -7.6114589517124465E+00 a       568     0    24     1    16
 -9.8989764316909117E+00 a       569     0    24     1    17
 -2.4441089200548989E+00 a       570     0    24     1    18
 -6.3845632564101464E+00 a       571     0    24     1    19
 -1.9521024543633234E+00 a       572     0    24     1    20
 -3.6505596351701484E+00 a       573     0    24     1    21
  2.5215464384514212E+00 a       574     0    24     1    22
 -9.5605384970215948E+00 a       575     0    24     1    23
 -4.7324063210453291E+00 a       576     0    24     1    24
  1.4374642021051176E+00 a       577     0    25     1     1
  7.3449088092320614E-01 a       578     0    25     1     2
 -2.9064267291828054E+00 a       579     0    25     1     3
  5.9306805270658713E-01 a       580     0    25     1     4
 -4.4511200530680499E+00 a       581     0    25     1     5
  5.4421509663572030E+00 a       582     0    25     1     6
  7.3159215724010140E+00 a       583     0    25     1     7
  3.9992339119516269E+00 a       584     0    25     1     8
 -1.0692204038736271E+01 a       585     0    25     1     9
 -1.8861530426028037E+00 a       586     0    25     1    10
  7.1678984130320664E+00 a       587     0    25     1    11
  1.0765121030185032E+00 a       588     0    25     1    12
 -5.5261598702432639E+00 a       589     0    25     1    13
 -2.2471364864298664E+00 a       590     0    25     1    14
 -9.4215287192904675E+00 a       591     0    25     1    15
  4.2191927883877991E+00 a       592     0    25     1    16
 -1.0679787896970119E+01 a       593     0    25     1    17
 -7.9894365258915840E+00 a       594     0    25     1    18
  6.3439314807579472E-01 a       595     0    25     1    19
  4.2483348881980794E+00 a       596     0    25     1    20
  8.6471165351959538E+00 a       597     0    25     1    21
  5.7430962804790706E+00 a       598     0    25     1    22
 -6.1080400387672027E+00 a       599     0    25     1    23
 -1.7515118851402779E+01 a       600     0    25     1    24
 -1.7824803831466458E+00 a       601     0    26     1     1
  3.2003970447424570E+00 a       602     0    26     1     2
  6.9935820666563391E+00 a       603     0    26     1     3
 -5.3692870283310450E+00 a       604     0    26     1     4
 -2.9357539728153487E-01 a       605     0    26     1     5
 -1.1237766238295167E-01 a       606     0    26     1     6
 -3.8230314716740827E+00 a       607     0    26     1     7
 -6.8477612891249660E+00 a       608     0    26     1     8
  3.6761287447384081E+00 a       609     0    26     1     9
  5.4778309453832330E+00 a       610     0    26     1    10
 -2.2952056012789840E-01 a       611     0    26     1    11
 -4.5128174953082372E+00 a       612     0    26     1    12
 -3.1453862599286415E+00 a       613     0    26     1    13
  3.8279192702614226E+00 a       614     0    26     1    14
  1.8469221118239780E+00 a       615     0    26     1    15
 -8.1663944773121711E-01 a       616     0    26     1    16
 -1.0081113740113998E+00 a       617     0    26     1    17
  5.7055647587690057E+00 a       618     0    26     1    18
 -5.0249388002007275E-02 a       619     0    26     1    19
 -3.2316674625446642E+00 a       620     0    26     1    20
  3.1019845842891498E+00 a       621     0    26     1    21
 -3.5917230570694056E+00 a       622     0    26     1    22
  1.8938776121365777E+00 a       623     0    26     1    23
 -1.5897014429958625E+00 a       624     0    26     1    24
  5.5773139745065272E+01 a       625     0    27     1     1
 -1.4158215991393257E+01 a       626     0    27     1     2
  1.8345897174078136E+01 a       627     0    27     1     3
 -1.5217858443060246E+01 a       628     0    27     1     4
  2.6691107693782010E+00 a       629     0    27     1     5
 -1.9406751891208589E+01 a       630     0    27     1     6
 -1.1504895583394152E+01 a       631     0    27     1     7
  7.6197716827573139E+00 a       632     0    27     1     8
 -1.0437303310404337E+01 a       633     0    27     1     9
 -2.0512961294487404E+01 a       634     0    27     1    10
 -1.3115972454105489E+01 a       635     0    27     1    11
  1.6767717487102637E+01 a       636     0    27     1    12
 -2.5110433804578417E+01 a       637     0    27     1    13
 -1.2111100367595792E+01 a       638     0    27     1    14
  5.2271659739034950E+00 a       639     0    27     1    15
  3.8405682602229007E+01 a       640     0    27     1    16
  1.7907086881601884E+01 a       641     0    27     1    17
  9.0413989879057617E+00 a       642     0    27     1    18
 -1.0964826299995053E+01 a       643     0    27     1    19
  3.3574989223174329E-01 a       644     0    27     1    20
 -4.1763153121911554E+00 a       645     0    27     1    21
  1.5012194161647532E+01 a       646     0    27     1    22
 -1.5502313807177204E+01 a       647     0    27     1    23
  8.0109201306330513E-01 a       648     0    27     1    24
 -9.6526023642952392E+00 a       649     0    28     1     1
  1.8255963791377155E+01 a       650     0    28     1     2
  3.7278801933810868E+01 a       651     0    28     1     3
 -2.1380914436682328E+01 a       652     0    28     1     4
 -5.1043642795891628E+00 a       653     0    28     1     5
  7.2226843807374843E+00 a       654     0    28     1     6
 -2.1338896394999484E+01 a       655     0    28     1     7
 -3.6849653013766293E+01 a       656     0    28     1     8
  1.1350599715835482E+01 a       657     0    28     1     9
  2.6738481386198306E+01 a       658     0    28     1    10
  5.7858034361683783E+00 a       659     0    28     1    11
 -1.0000962640103728E+01 a       660     0    28     1    12
 -2.9209462699416861E+01 a       661     0    28     1    13
  6.9554449082518701E+00 a       662     0    28     1    14
  1.8039098703854961E-01 a       663     0    28     1    15
  1.3410883524354367E-01 a       664     0    28     1    16
 -1.9772364843538419E+01 a       665     0    28     1    17
  1.6539935411129907E+01 a       666     0    28     1    18
  1.0733370462677861E+01 a       667     0    28     1    19
 -1.7355283571930713E+01 a       668     0    28     1    20
  1.4968194103754829E+01 a       669     0    28     1    21
 -1.9739638594822733E+01 a       670     0    28     1    22
 -3.0205045956122825E+00 a       671     0    28     1    23
 -2.2653088412480766E+01 a       672     0    28     1    24
 -1.8913048217882942E+01 a       673     0    29     1     1
 -2.2378317266082868E+00 a       674     0    29     1     2
 -1.6167876014457473E+01 a       675     0    29     1     3
  1.3868245557290312E+01 a       676     0    29     1     4
  7.2557585445720783E+00 a       677     0    29     1     5
  1.9173635380360473E+01 a       678     0    29     1     6
 -5.3767844118280061E+00 a       679     0    29     1     7
  1.4759689038076107E-01 a       680     0    29     1     8
  3.0570727395010997E+00 a       681     0    29     1     9
  4.2998631345531253E+00 a       682     0    29     1    10
 -9.0264217461843970E+00 a       683     0    29     1    11
 -2.0999008988993065E+01 a       684     0    29     1    12
  1.8841022311946698E+01 a       685     0    29     1    13
 -3.8009014532398848E+00 a       686     0    29     1    14
 -7.7923012662431264E+00 a       687     0    29     1    15
 -2.1304105290708780E+01 a       688     0    29     1    16
 -2.3450859031675581E+01 a       689     0    29     1    17
 -6.8373741173494311E+00 a       690     0    29     1    18
  1.6623639131983208E+00 a       691     0    29     1    19
  4.6512339366275306E+00 a       692     0    29     1    20
  2.8436878589824159E+00 a       693     0    29     1    21
  1.8265943225538779E+00 a       694     0    29     1    22
  7.7067501768406039E+00 a       695     0    29     1    23
 -1.8824912553446806E+00 a       696     0    29     1    24
  7.3095713959404423E+00 a       697     0    30     1     1
 -4.5555751380512826E+00 a       698     0    30     1     2
 -1.5315131907587627E+01 a       699     0    30     1     3
  1.3955202228684728E+01 a       700     0    30     1     4
  2.2827304332951823E+00 a       701     0    30     1     5
  9.1034307296278101E+00 a       702     0    30     1     6
  7.2873203645649678E+00 a       703     0    30     1     7
  2.7382882741396941E+01 a       704     0    30     1     8
 -6.0886775954187113E+00 a       705     0    30     1     9
 -1.5549508294153387E+01 a       706     0    30     1    10
  3.6953231144977932E+00 a       707     0    30     1    11
  1.4087233110650544E+01 a       708     0    30     1    12
 -3.0467987145072768E+00 a       709     0    30     1    13
 -1.7706304550660256E+01 a       710     0    30     1    14
 -5.1847623328803136E+00 a       711     0    30     1    15
  4.3054833015516829E+00 a       712     0    30     1    16
  7.3531089705824382E+00 a       713     0    30     1    17
 -1.6934034772958611E+01 a       714     0    30     1    18
  1.5725293393222708E+00 a       715     0    30     1    19
  1.3559779584650975E+01 a       716     0    30     1    20
 -1.0827615297745295E+01 a       717     0    30     1    21
  5.4367426312883902E+00 a       718     0    30     1    22
  2.6923448884171819E+00 a       719     0    30     1    23
 -1.4988711799391266E+00 a       720     0    30     1    24
  1.5245573394052723E+00 a       721     0    31     1     1
  1.0965154004931432E+00 a       722     0    31     1     2
 -8.9905966802405102E-01 a       723     0    31     1     3
  1.4517221371660821E-01 a       724     0    31     1     4
  2.5197993153450748E-01 a       725     0    31     1     5
  2.7779020961405149E-01 a       726     0    31     1     6
 -8.0101368969798481E-01 a       727     0    31     1     7
 -2.1069492005986640E-01 a       728     0    31     1     8
  8.6123955066616065E-01 a       729     0    31     1     9
  1.8326845763546420E+00 a       730     0    31     1    10
 -3.0542862169342699E-01 a       731     0    31     1    11
  8.7684791738648127E-01 a       732     0    31     1    12
  8.4167783488774506E-01 a       733     0    31     1    13
  3.3598300424931898E-01 a       734     0    31     1    14
 -2.0197989278114403E-01 a       735     0    31     1    15
  4.4182050678084228E-01 a       736     0    31     1    16
  7.5651276426731706E-01 a       737     0    31     1    17
 -1.2446154144918635E-01 a       738     0    31     1    18
  2.1819828003601571E-01 a       739     0    31     1    19
 -3.3913178155127194E-01 a       740     0    31     1    20
 -3.8670614252963859E-01 a       741     0    31     1    21
 -1.5949221984689781E+00 a       742     0    31     1    22
 -8.1485576660142700E-01 a       743     0    31     1    23
  8.2503752462663738E-01 a       744     0    31     1    24
  1.1891769195592387E-01 a       745     0    32     1     1
  2.5438186547568470E-01 a       746     0    32     1     2
  1.7853383289125314E-02 a       747     0    32     1     3
  6.1057065561209289E-01 a       748     0    32     1     4
 -5.3196450881072876E-01 a       749     0    32     1     5
 -2.9935843318238481E-01 a       750     0    32     1     6
  5.7706347588508178E-01 a       751     0    32     1     7
 -5.6359015862844797E-01 a       752     0    32     1     8
 -2.2225567550474948E-01 a       753     0    32     1     9
  3.0283188783611675E-01 a       754     0    32     1    10
 -7.4800944843554884E-01 a       755     0    32     1    11
  2.1504259179061755E-01 a       756     0    32     1    12
 -6.6542384484490802E-01 a       757     0    32     1    13
  3.4640239569750694E-02 a       758     0    32     1    14
  4.2651977337096464E-01 a       759     0    32     1    15
 -3.8684527910365879E-01 a       760     0    32     1    16
 -4.8943966055427496E-01 a       761     0    32     1    17
 -7.0705796301944457E-02 a       762     0    32     1    18
  4.0982942116039900E-01 a       763     0    32     1    19
 -2.3053846995030114E-01 a       764     0    32     1    20
  2.0269489197599502E-01 a       765     0    32     1    21
 -8.2802113785936660E-01 a       766     0    32     1    22
 -2.8835181292387921E-02 a       767     0    32     1    23
  4.9216392316984736E-01 a       768     0    32     1    24
 -2.6919673053113175E-02 b       769     1     1
  2.4374365323753654E-03 b       770     1     2
  2.0051381367848245E-01 b       771     1     3
 -5.5547237649471439E-03 b       772     1     4
  1.4858597633480397E-01 b       773     1     5
 -1.1025695896754617E-01 b       774     1     6
 -5.2511071984411753E-02 b       775     1     7
  9.3500329870101553E-02 b       776     1     8
  9.3657609680998261E-02 b       777     1     9
 -8.6684595467317896E-02 b       778     1    10
 -2.1556005718604592E-02 b       779     1    11
  1.0530053985878321E-01 b       780     1    12
 -1.0919319147784345E-01 b       781     1    13
  1.8468538753670755E-01 b       782     1    14
  9.5951599646291977E-02 b       783     1    15
  6.2761145064511780E-03 b       784     1    16
 -1.9727919455738147E-01 b       785     1    17
  2.5957375773907393E-01 b       786     1    18
 -1.6714140250849860E-01 b       787     1    19
 -4.5061559445887932E-02 b       788     1    20
  2.0074695541588444E-01 b       789     1    21
  7.6342421394424584E-02 b       790     1    22
  1.8534489044444619E-01 b       791     1    23
 -8.1391193534451678E-02 b       792     1    24
 -1.7405616360929804E-01 a       793     1     1     2     1
 -1.7445478495909927E+00 a       794     1     1     2     2
 -1.6742757507313668E+00 a       795     1     1     2     3
  9.2522209331595429E-01 a       796     1     1     2     4
 -1.9835389411612281E+00 a       797     1     1     2     5
  1.3658849661132195E+00 a       798     1     1     2     6
  2.4995806565415415E-04 a       799     1     1     2     7
  8.6706003147308586E-01 a       800     1     1     2     8
  7.2379675669109222E-01 a       801     1     1     2     9
 -6.4077030144969616E-01 a       802     1     1     2    10
 -1.6529012587987268E+00 a       803     1     1     2    11
  1.3026083623182345E+00 a       804     1     1     2    12
 -5.0161201275728795E-01 a       805     1     1     2    13
 -7.1415924142504688E+00 a       806     1     1     2    14
  1.1339488612512751E+00 a       807     1     1     2    15
  8.9269133583302362E-01 a       808     1     1     2    16
 -1.6540239458500765E+00 a       809     1     1     2    17
 -1.9952523768969119E+00 a       810     1     1     2    18
 -7.9886813524801015E-01 a       811     1     1     2    19
 -3.3280869838767224E-01 a       812     1     1     2    20
  7.9351190475891498E-01 a       813     1     1     2    21
  1.4344867287462399E+00 a       814     1     1     2    22
 -4.8102991523196276E-01 a       815     1     1     2    23
  4.5483989267096392E-01 a       816     1     1     2    24
  4.3284955457196256E-01 a       817     1     2     2     1
  9.9753661743243371E-01 a       818     1     2     2     2
  2.7115956863907260E+00 a       819     1     2     2     3
 -1.4113101842114253E+00 a       820     1     2     2     4
  2.7339317688011997E+00 a       821     1     2     2     5
  1.8194458104397886E+00 a       822     1     2     2     6
  2.6867556068615756E-01 a       823     1     2     2     7
  8.8621495260836514E-01 a       824     1     2     2     8
  6.4703429154509118E-01 a       825     1     2     2     9
  1.0793327308261618E+00 a       826     1     2     2    10
  1.8324616783461127E+00 a       827     1     2     2    11
 -2.2091265557546502E+00 a       828     1     2     2    12
 -2.1937519606832495E-01 a       829     1     2     2    13
  4.2491826103884875E+00 a       830     1     2     2    14
  1.7417661759615508E-01 a       831     1     2     2    15
 -6.9753832868701615E-01 a       832     1     2     2    16
  1.1353064378986726E+00 a       833     1     2     2    17
 -1.2643240713408805E+00 a       834     1     2     2    18
 -3.3288091171913992E-01 a       835     1     2     2    19
 -8.0405326173535696E-01 a       836     1     2     2    20
 -3.3613079088897341E-01 a       837     1     2     2    21
 -3.4895934417028829E+00 a       838     1     2     2    22
  1.3396460157318550E+00 a       839     1     2     2    23
 -1.8987892032506306E+00 a       840     1     2     2    24
  3.1682135009078999E-01 a       841     1     3     2     1
  3.3472123093726602E-01 a       842     1     3     2     2
  6.6527322679638745E-01 a       843     1     3     2     3
 -5.1901423347313425E-01 a       844     1     3     2     4
 -6.0219895380805646E-02 a       845     1     3     2     5
 -1.0505767044949641E+00 a       846     1     3     2     6
 -6.1780373778192699E-01 a       847     1     3     2     7
 -1.9127667017357948E+00 a       848     1     3     2     8
 -9.6126635517689962E-01 a       849     1     3     2     9
  5.6352356563591433E-01 a       850     1     3     2    10
  3.0627923238666011E-01 a       851     1     3     2    11
 -2.0430673684336306E-01 a       852     1     3     2    12
 -2.5325307860872722E-02 a       853     1     3     2    13
  3.0092629673289415E+00 a       854     1     3     2    14
 -4.6926261221621707E-01 a       855     1     3     2    15
  8.0513257337076738E-01 a       856     1     3     2    16
  1.4263660194319372E+00 a       857     1     3     2    17
 -6.5089340447961130E-01 a       858     1     3     2    18
 -2.8825852500087634E-01 a       859     1     3     2    19
 -1.2031031752034056E-01 a       860     1     3     2    20
  9.2506885067734601E-01 a       861     1     3     2    21
  2.6307381388637889E+00 a       862     1     3     2    22
  2.1068502184754112E-01 a       863     1     3     2    23
  3.6598938682850822E-02 a       864     1     3     2    24
 -6.6537634224955000E-01 a       865     1     4     2     1
  1.9463421759774702E+00 a       866     1     4     2     2
 -1.5534621896174814E+00 a       867     1     4     2     3
  3.5617642528942361E-01 a       868     1     4     2     4
 -3.3323019605849220E+00 a       869     1     4     2     5
 -3.1478384144920091E-01 a       870     1     4     2     6
  1.8846471971590155E+00 a       871     1     4     2     7
  2.5623630624988675E-01 a       872     1     4     2     8
 -6.1103136246103751E-01 a       873     1     4     2     9
 -1.4416784947347197E-01 a       874     1     4     2    10
 -1.6493690282137385E+00 a       875     1     4     2    11
  1.4301298070570581E+00 a       876     1     4     2    12
 -6.8176926914579428E-01 a       877     1     4     2    13
  4.4817668176478440E+00 a       878     1     4     2    14
  5.1684077423401042E-01 a       879     1     4     2    15
  2.2975202495895247E-01 a       880     1     4     2    16
  1.9017807839807258E-01 a       881     1     4     2    17
  1.7480165720684268E-01 a       882     1     4     2    18
 -2.5052452532633329E-01 a       883     1     4     2    19
  2.2909314528260336E+00 a       884     1     4     2    20
  8.0711663585856142E-01 a       885     1     4     2    21
 -3.8223999315043646E+00 a       886     1     4     2    22
 -1.4390358445602036E+00 a       887     1     4     2    23
  1.2200609396804496E+00 a       888     1     4     2    24
  7.1066198078384257E-01 a       889     1     5     2     1
  3.4173238150966240E-01 a       890     1     5     2     2
  2.1745451485334319E-01 a       891     1     5     2     3
  6.6010920530404782E-01 a       892     1     5     2     4
 -1.0645233033897392E+00 a       893     1     5     2     5
  3.1156046752979799E-01 a       894     1     5     2     6
  3.7178029407709284E-01 a       895     1     5     2     7
 -3.0704960836804657E-01 a       896     1     5     2     8
  1.2562912350974345E-01 a       897     1     5     2     9
  1.0404204392526593E+00 a       898     1     5     2    10
 -2.7899433449711974E-02 a       899     1     5     2    11
  2.5727825157314377E+00 a       900     1     5     2    12
 -7.1902475860196069E-01 a       901     1     5     2    13
 -1.1432259340655301E+01 a       902     1     5     2    14
  3.6355036334757757E-01 a       903     1     5     2    15
  2.4617538853964863E-01 a       904     1     5     2    16
 -1.9779111862672385E+00 a       905     1     5     2    17
 -5.2018382420854858E-01 a       906     1     5     2    18
  7.8623240321891485E-01 a       907     1     5     2    19
 -9.8237248251801343E-02 a       908     1     5     2    20
 -4.3116335126300276E-01 a       909     1     5     2    21
  4.1334342492566006E-01 a       910     1     5     2    22
 -1.5947227584775256E+00 a       911     1     5     2    23
  3.6954718047462598E-01 a       912     1     5     2    24
 -8.3133528924790756E-01 a       913     1     6     2     1
  2.2584385198154822E-01 a       914     1     6     2     2
  9.2047196160526001E-01 a       915     1     6     2     3
  6.1712581814680922E-01 a       916     1     6     2     4
  1.9433081984074968E-01 a       917     1     6     2     5
 -2.0275550658562378E+00 a       918     1     6     2     6
 -1.2932420579183948E-01 a       919     1     6     2     7
 -4.7927751166210369E-02 a       920     1     6     2     8
  1.2612355709308511E+00 a       921     1     6     2     9
  1.3514728885453145E-01 a       922     1     6     2    10
  7.5504803996483894E-01 a       923     1     6     2    11
 -1.5133429876418907E+00 a       924     1     6     2    12
  4.1334999465287836E-01 a       925     1     6     2    13
 -1.6718741806697913E+01 a       926     1     6     2    14
 -1.0127710178640499E+00 a       927     1     6     2    15
 -1.5111509942894745E+00 a       928     1     6     2    16
  1.2329554979339716E+00 a       929     1     6     2    17
 -2.4433072350261101E-02 a       930     1     6     2    18
 -1.8787843418975725E+00 a       931     1     6     2    19
 -6.0402426030040646E-01 a       932     1     6     2    20
 -7.5694412040963954E-01 a       933     1     6     2    21
 -5.9827854929143098E-01 a       934     1     6     2    22
 -1.9882252544493841E+00 a       935     1     6     2    23
  7.7348163754576738E-01 a       936     1     6     2    24
 -8.5905519613648743E-02 a       937     1     7     2     1
  1.7751037279250563E+00 a       938     1     7     2     2
 -3.2794283129065152E+00 a       939     1     7     2     3
 -5.0192542349052194E-01 a       940     1     7     2     4
  1.7339871362806119E+00 a       941     1     7     2     5
 -1.3172911817000724E-01 a       942     1     7     2     6
  1.6012920900671188E-01 a       943     1     7     2     7
 -5.3957483017931275E-02 a       944     1     7     2     8
 -2.1543704363436839E-01 a       945     1     7     2     9
  3.5662566214504432E-01 a       946     1     7     2    10
  1.5672736669805581E-01 a       947     1     7     2    11
  8.3836146708680503E-01 a       948     1     7     2    12
  3.0185544837057206E-02 a       949     1     7     2    13
  5.7353661695792706E+00 a       950     1     7     2    14
  3.4655428598456200E-01 a       951     1     7     2    15
  9.0233400277406905E-01 a       952     1     7     2    16
  2.1808470110603112E-01 a       953     1     7     2    17
  1.2694041908434184E+00 a       954     1     7     2    18
 -6.7349716794912362E-02 a       955     1     7     2    19
  1.5989215232991419E-02 a       956     1     7     2    20
  4.4851679607214179E-01 a       957     1     7     2    21
 -2.6293220737611613E+00 a       958     1     7     2    22
 -2.4415783368929042E-01 a       959     1     7     2    23
 -2.7845609421161610E-01 a       960     1     7     2    24
  5.0184691088756495E-01 a       961     1     8     2     1
  2.3138067468247123E-02 a       962     1     8     2     2
 -1.0810852441225911E-01 a       963     1     8     2     3
 -4.3179860093874223E-01 a       964     1     8     2     4
 -8.7093986134155943E-01 a       965     1     8     2     5
 -9.1755463675087756E-01 a       966     1     8     2     6
 -4.5073237804698840E-01 a       967     1     8     2     7
  6.2394743903802019E-01 a       968     1     8     2     8
 -2.8424132571226141E-01 a       969     1     8     2     9
 -9.1114557286536210E-03 a       970     1     8     2    10
 -4.3463611260488816E-01 a       971     1     8     2    11
 -3.4789471772375951E+00 a       972     1     8     2    12
 -1.9315375619807054E-01 a       973     1     8     2    13
  2.6131256928747524E+00 a       974     1     8     2    14
  4.4473294058086155E-01 a       975     1     8     2    15
 -5.7427227224375454E-01 a       976     1     8     2    16
  2.0769602630573463E+00 a       977     1     8     2    17
  6.9045738120922362E-01 a       978     1     8     2    18
 -2.0874845046141881E+00 a       979     1     8     2    19
  3.1258249344728867E-01 a       980     1     8     2    20
  6.2071114208942013E-01 a       981     1     8     2    21
  6.8115297969123145E-01 a       982     1     8     2    22
  4.2361613389452318E-01 a       983     1     8     2    23
  1.6603843366484421E+00 a       984     1     8     2    24
 -1.5196618041178591E+00 a       985     1     9     2     1
  1.6175228134594095E+00 a       986     1     9     2     2
 -1.7143851681079207E+00 a       987     1     9     2     3
 -1.0939529861717061E+00 a       988     1     9     2     4
  1.7639554364320473E+00 a       989     1     9     2     5
  2.4652600057252361E+00 a       990     1     9     2     6
 -3.4340240234896524E-01 a       991     1     9     2     7
  1.1313404167171430E+00 a       992     1     9     2     8
  5.8403617235947225E-02 a       993     1     9     2     9
 -4.2723930918617475E-01 a       994     1     9     2    10
 -2.7356573448392330E-01 a       995     1     9     2    11
  3.7741804204345386E+00 a       996     1     9     2    12
 -4.8370559995463713E-01 a       997     1     9     2    13
 -1.4015832513852886E+00 a       998     1     9     2    14
  1.1203498277644546E+00 a       999     1     9     2    15
  2.6021705513372552E-02 a      1000     1     9     2    16
 -1.4966275539181744E+00 a      1001     1     9     2    17
  1.8543665050246945E+00 a      1002     1     9     2    18
  1.7677854975471170E+00 a      1003     1     9     2    19
  1.4388070219138689E+00 a      1004     1     9     2    20
  1.3089654044142507E+00 a      1005     1     9     2    21
  2.0812516374142667E+00 a      1006     1     9     2    22
 -3.2397128843186229E-01 a      1007     1     9     2    23
 -9.8788811049519720E-01 a      1008     1     9     2    24
 -8.1071350324899916E-01 a      1009     1    10     2     1
 -8.1502300474853295E-01 a      1010     1    10     2     2
  3.7591753575710833E+00 a      1011     1    10     2     3
  2.3717193143117149E-01 a      1012     1    10     2     4
  2.5335810333087396E+00 a      1013     1    10     2     5
 -2.9072509475078762E-01 a      1014     1    10     2     6
 -8.4575615998454712E-01 a      1015     1    10     2     7
 -6.2782923034059279E-01 a      1016     1    10     2     8
 -1.2747562003836739E+00 a      1017     1    10     2     9
  1.5807802304143945E-01 a      1018     1    10     2    10
 -1.2670820549973163E+00 a      1019     1    10     2    11
 -3.8302461918576896E+00 a      1020     1    10     2    12
  7.0902317367812728E-01 a      1021     1    10     2    13
  1.5815207544359570E+01 a      1022     1    10     2    14
 -1.3057151933878368E+00 a      1023     1    10     2    15
  1.2086657123025022E+00 a      1024     1    10     2    16
  2.3858104059466072E-02 a      1025     1    10     2    17
  1.6302708322530997E+00 a      1026     1    10     2    18
  1.0839800583083807E+00 a      1027     1    10     2    19
  1.6061520838793475E+00 a      1028     1    10     2    20
  1.0949818179097806E+00 a      1029     1    10     2    21
 -5.5977593150466092E+00 a      1030     1    10     2    22
  6.6922095827001260E-02 a      1031     1    10     2    23
  4.0560814307909349E-01 a      1032     1    10     2    24
  6.7138063456999508E-01 a      1033     1    11     2     1
  1.5476581416847299E+00 a      1034     1    11     2     2
  1.4019332119610886E+00 a      1035     1    11     2     3
  1.0257120140268836E-02 a      1036     1    11     2     4
  2.6684750838533833E+00 a      1037     1    11     2     5
 -1.3285623737306398E+00 a      1038     1    11     2     6
  1.0086787532698728E-01 a      1039     1    11     2     7
 -1.3795644277130701E+00 a      1040     1    11     2     8
 -9.7481722975264307E-01 a      1041     1    11     2     9
  5.6288510286863858E-01 a      1042     1    11     2    10
  2.5906682602845993E-01 a      1043     1    11     2    11
 -1.6719251414722416E+00 a      1044     1    11     2    12
 -4.2649185921023386E-01 a      1045     1    11     2    13
 -9.1953659597682780E+00 a      1046     1    11     2    14
  9.5317636225025953E-02 a      1047     1    11     2    15
  6.1220824111108452E-01 a      1048     1    11     2    16
  7.8509098714819514E-01 a      1049     1    11     2    17
  1.9862233294644120E+00 a      1050     1    11     2    18
  1.1219390029734749E-01 a      1051     1    11     2    19
  4.0769197485133629E-01 a      1052     1    11     2    20
 -1.3101467337416889E-01 a      1053     1    11     2    21
 -2.4288196485197200E+00 a      1054     1    11     2    22
  6.9477510802643627E-01 a      1055     1    11     2    23
  2.1205559236881406E-02 a      1056     1    11     2    24
 -1.5239322841689491E+00 a      1057     1    12     2     1
 -2.0183724298011714E+00 a      1058     1    12     2     2
  1.1107077301223793E+00 a      1059     1    12     2     3
 -8.6609494281578947E-01 a      1060     1    12     2     4
 -2.1890323794456510E+00 a      1061     1    12     2     5
 -1.4697085202598830E+00 a      1062     1    12     2     6
 -6.6037417168766444E-01 a      1063     1    12     2     7
 -4.1583552930510206E-02 a      1064     1    12     2     8
 -1.9637980241338138E+00 a      1065     1    12     2     9
 -6.3884240201692344E-01 a      1066     1    12     2    10
  9.6801655207354409E-01 a      1067     1    12     2    11
 -9.4434149817476454E-01 a      1068     1    12     2    12
  2.7194738887122660E-01 a      1069     1    12     2    13
  1.3139088875433940E+01 a      1070     1    12     2    14
 -6.3138536968537939E-01 a      1071     1    12     2    15
 -2.2940647626029129E+00 a      1072     1    12     2    16
  1.9031554280108833E+00 a      1073     1    12     2    17
 -1.9378427956150539E+00 a      1074     1    12     2    18
  1.5836823752876623E+00 a      1075     1    12     2    19
 -9.7081584192969783E-01 a      1076     1    12     2    20
  1.0932276813833619E+00 a      1077     1    12     2    21
  2.8977734861392688E+00 a      1078     1    12     2    22
 -7.0266395659607539E-01 a      1079     1    12     2    23
  1.4538289462167575E-01 a      1080     1    12     2    24
  3.6217607166765858E-01 a      1081     1    13     2     1
 -1.9348234661505170E+00 a      1082     1    13     2     2
 -2.5789360936543106E+00 a      1083     1    13     2     3
  5.8558535194769966E-02 a      1084     1    13     2     4
  6.6710909972430210E-01 a      1085     1    13     2     5
 -2.7079265617387244E-01 a      1086     1    13     2     6
 -4.3180771976992893E-01 a      1087     1    13     2     7
 -9.7286328399316321E-02 a      1088     1    13     2     8
 -6.8489623585754833E-01 a      1089     1    13     2     9
 -4.4826983474932518E-02 a      1090     1    13     2    10
 -3.7459399106443726E-02 a      1091     1    13     2    11
  7.7203922505780165E-01 a      1092     1    13     2    12
 -2.5712406363154289E-01 a      1093     1    13     2    13
  3.5826716020562830E+00 a      1094     1    13     2    14
 -1.4334524010998495E+00 a      1095     1    13     2    15
 -2.8032134642446710E-01 a      1096     1    13     2    16
  9.2468335592692541E-01 a      1097     1    13     2    17
  8.2101801879867509E-01 a      1098     1    13     2    18
  1.7038831913588035E+00 a      1099     1    13     2    19
  1.1573922379448818E+00 a      1100     1    13     2    20
 -4.3433071667870032E-01 a      1101     1    13     2    21
 -1.8468060460219353E+00 a      1102     1    13     2    22
  4.9324887991076422E-01 a      1103     1    13     2    23
 -1.3384250898736740E+00 a      1104     1    13     2    24
 -1.2568753435408442E+00 a      1105     1    14     2     1
  1.1306901270834433E+00 a      1106     1    14     2     2
  1.8878885622083528E+00 a      1107     1    14     2     3
 -1.0031485814631131E+00 a      1108     1    14     2     4
  1.1461808395781099E+00 a      1109     1    14     2     5
  1.8058307464167835E+00 a      1110     1    14     2     6
  1.0411334842467019E+00 a      1111     1    14     2     7
  1.2142780189378903E+00 a      1112     1    14     2     8
  5.6423356752762133E-01 a      1113     1    14     2     9
 -1.2092845069393199E-01 a      1114     1    14     2    10
 -1.2827878595145173E-01 a      1115     1    14     2    11
  1.3975038055324247E+00 a      1116     1    14     2    12
  1.0695717753421900E-02 a      1117     1    14     2    13
 -1.5966395764166904E+01 a      1118     1    14     2    14
  4.8709622390573154E-01 a      1119     1    14     2    15
 -1.1391440045826799E+00 a      1120     1    14     2    16
 -4.5234068266374805E-01 a      1121     1    14     2    17
 -9.0289627477209833E-01 a      1122     1    14     2    18
 -1.6794760085617713E-01 a      1123     1    14     2    19
  4.0963163231657501E-01 a      1124     1    14     2    20
 -2.5563966571519708E-01 a      1125     1    14     2    21
 -1.2561621086961055E+00 a      1126     1    14     2    22
  9.5995524438549740E-01 a      1127     1    14     2    23
 -4.0794884385276969E-01 a      1128     1    14     2    24
  9.2796594850777547E-01 a      1129     1    15     2     1
  1.7850295086317611E-01 a      1130     1    15     2     2
  2.2942840420361112E+00 a      1131     1    15     2     3
 -4.2873671256134387E-02 a      1132     1    15     2     4
  2.6687754980068088E+00 a      1133     1    15     2     5
  1.3525867769005682E+00 a      1134     1    15     2     6
  4.6212869346379454E-01 a      1135     1    15     2     7
 -3.3065912628216332E-01 a      1136     1    15     2     8
  1.3860690213435947E+00 a      1137     1    15     2     9
 -1.1029768128520247E-01 a      1138     1    15     2    10
  9.2637560464403279E-01 a      1139     1    15     2    11
 -9.5870393298037726E-01 a      1140     1    15     2    12
  1.1137820401666405E+00 a      1141     1    15     2    13
 -1.1687951795732346E+01 a      1142     1    15     2    14
 -1.3409635889249658E+00 a      1143     1    15     2    15
 -5.0362127332006434E-01 a      1144     1    15     2    16
 -3.8792511652483486E-02 a      1145     1    15     2    17
  1.4325688684915818E+00 a      1146     1    15     2    18
 -6.6216452564957429E-01 a      1147     1    15     2    19
  1.7058551177297652E+00 a      1148     1    15     2    20
 -1.5270311335114857E+00 a      1149     1    15     2    21
  2.6449779041461450E+00 a      1150     1    15     2    22
  1.2866000061563512E+00 a      1151     1    15     2    23
  1.2574910363056675E+00 a      1152     1    15     2    24
  2.8132166578220880E-01 a      1153     1    16     2     1
  1.4584911237329643E+00 a      1154     1    16     2     2
  1.6612889612316684E+00 a      1155     1    16     2     3
 -5.7287216672871022E-01 a      1156     1    16     2     4
  1.4110292608558153E+00 a      1157     1    16     2     5
  3.4134542133525771E-02 a      1158     1    16     2     6
  1.3468580582482814E-01 a      1159     1    16     2     7
 -7.2637607256694903E-01 a      1160     1    16     2     8
 -7.1425071277219720E-01 a      1161     1    16     2     9
  1.1408044215236528E+00 a      1162     1    16     2    10
 -1.3601547442843223E+00 a      1163     1    16     2    11
  2.8293039529204025E+00 a      1164     1    16     2    12
 -3.5844361957421184E-01 a      1165     1    16     2    13
  3.9950011777544430E+00 a      1166     1    16     2    14
  8.2843031395347733E-01 a      1167     1    16     2    15
  9.8623235626481809E-01 a      1168     1    16     2    16
 -3.2149834634372548E-01 a      1169     1    16     2    17
  3.5406074408062129E+00 a      1170     1    16     2    18
  3.2160863647236093E-01 a      1171     1    16     2    19
  2.4192941323101818E+00 a      1172     1    16     2    20
  1.1859277225876930E+00 a      1173     1    16     2    21
 -5.0265886538839686E+00 a      1174     1    16     2    22
  1.2219124255429514E+00 a      1175     1    16     2    23
 -1.4709362910999862E-01 a      1176     1    16     2    24
  6.3838131336407811E-01 a      1177     1    17     2     1
 -1.2882141261885611E+00 a      1178     1    17     2     2
  1.2534652529167749E+00 a      1179     1    17     2     3
  1.5694890616025154E+00 a      1180     1    17     2     4
 -2.0143454218420331E-01 a      1181     1    17     2     5
 -4.8725707389562189E-01 a      1182     1    17     2     6
  4.5792138030727902E-01 a      1183     1    17     2     7
 -1.5668677838135775E-01 a      1184     1    17     2     8
  1.1479013904031272E+00 a      1185     1    17     2     9
  6.1968778258233707E-02 a      1186     1    17     2    10
  3.9768573293023768E-01 a      1187     1    17     2    11
  7.4065197289290330E-01 a      1188     1    17     2    12
 -1.5086595426680122E-01 a      1189     1    17     2    13
  2.1125446418551852E-01 a      1190     1    17     2    14
  1.8529512605800873E+00 a      1191     1    17     2    15
 -1.4419276009062747E+00 a      1192     1    17     2    16
 -3.8518869310814448E+00 a      1193     1    17     2    17
 -1.5040320024396554E+00 a      1194     1    17     2    18
 -7.4111243630466506E-01 a      1195     1    17     2    19
 -6.0532972998110057E-01 a      1196     1    17     2    20
 -4.4128085180104010E-01 a      1197     1    17     2    21
  8.4007163161714404E-01 a      1198     1    17     2    22
  1.2360250119897653E+00 a      1199     1    17     2    23
  8.8563527556237331E-01 a      1200     1    17     2    24
  5.1943874225737385E-01 a      1201     1    18     2     1
 -4.1074202555333195E-01 a      1202     1    18     2     2
 -2.2058600141379641E+00 a      1203     1    18     2     3
 -1.3266780211942861E-01 a      1204     1    18     2     4
  3.4581704859371071E-01 a      1205     1    18     2     5
  1.0299429357402465E+00 a      1206     1    18     2     6
  5.3584993284190918E-01 a      1207     1    18     2     7
 -1.1350260699656416E+00 a      1208     1    18     2     8
  2.3630695350253417E-01 a      1209     1    18     2     9
  5.1172066625068324E-01 a      1210     1    18     2    10
  4.1251876991746045E-01 a      1211     1    18     2    11
  3.0401228560179971E+00 a      1212     1    18     2    12
  7.2254860948168165E-01 a      1213     1    18     2    13
 -8.8531583346185148E+00 a      1214     1    18     2    14
 -5.0410755492082004E-01 a      1215     1    18     2    15
  7.3816392970576272E-01 a      1216     1    18     2    16
 -8.6274390679594060E-01 a      1217     1    18     2    17
 -1.9141619452870582E+00 a      1218     1    18     2    18
  1.0353948623844949E+00 a      1219     1    18     2    19
  5.7663535798354004E-01 a      1220     1    18     2    20
 -1.1230783350198550E+00 a      1221     1    18     2    21
 -9.4996991900802830E-01 a      1222     1    18     2    22
  8.2468227770556723E-01 a      1223     1    18     2    23
 -3.9734896184576091E-01 a      1224     1    18     2    24
  6.6391544305824801E-01 a      1225     1    19     2     1
  1.6901483209487966E+00 a      1226     1    19     2     2
  1.5956147760270791E+00 a      1227     1    19     2     3
  8.9069754809384505E-01 a      1228     1    19     2     4
 -2.2820253262906176E+00 a      1229     1    19     2     5
 -1.1091117602991438E+00 a      1230     1    19     2     6
  1.2600476199334927E+00 a      1231     1    19     2     7
 -1.3147699428843310E-01 a      1232     1    19     2     8
 -3.5926786858938403E-01 a      1233     1    19     2     9
  5.6440393891797558E-01 a      1234     1    19     2    10
  1.0450200437720638E+00 a      1235     1    19     2    11
  1.4202548330141654E-01 a      1236     1    19     2    12
  2.1173849030687342E-01 a      1237     1    19     2    13
 -2.8955120612846210E+00 a      1238     1    19     2    14
 -8.1814308240398825E-01 a      1239     1    19     2    15
 -1.3002083780520310E+00 a      1240     1    19     2    16
 -1.0040274564638547E+00 a      1241     1    19     2    17
  1.1216457382243892E+00 a      1242     1    19     2    18
 -7.5998073162074720E-01 a      1243     1    19     2    19
  8.6389231766603725E-01 a      1244     1    19     2    20
 -9.2516881650393679E-01 a      1245     1    19     2    21
  7.0533650986759722E-01 a      1246     1    19     2    22
 -5.1491169951848337E-01 a      1247     1    19     2    23
  1.8721719344908732E+00 a      1248     1    19     2    24
  1.3255265399523457E+00 a      1249     1    20     2     1
 -1.0022009069567375E+00 a      1250     1    20     2     2
  6.1252850001680659E-01 a      1251     1    20     2     3
  6.4589628858611925E-01 a      1252     1    20     2     4
 -1.4540330317640688E+00 a      1253     1    20     2     5
 -1.0718596579602657E+00 a      1254     1    20     2     6
 -1.0669916266630587E-01 a      1255     1    20     2     7
 -2.3442870294992453E+00 a      1256     1    20     2     8
  3.7459049127825600E-01 a      1257     1    20     2     9
  2.2085677733932332E-01 a      1258     1    20     2    10
  1.8181230570205240E+00 a      1259     1    20     2    11
 -1.4688392164266690E+00 a      1260     1    20     2    12
  1.3188566453669026E+00 a      1261     1    20     2    13
 -1.9629804954243955E+00 a      1262     1    20     2    14
 -1.7192206848847007E+00 a      1263     1    20     2    15
 -5.6613187823246780E-01 a      1264     1    20     2    16
  1.1241223846924300E+00 a      1265     1    20     2    17
 -7.0144182227429286E-01 a      1266     1    20     2    18
  7.8608202807937699E-01 a      1267     1    20     2    19
 -1.6261747414546865E+00 a      1268     1    20     2    20
 -1.5622027621491199E+00 a      1269     1    20     2    21
 -3.3441606013162795E-01 a      1270     1    20     2    22
  9.0435775536483076E-01 a      1271     1    20     2    23
 -1.8954570198491143E+00 a      1272     1    20     2    24
  4.8190964383149737E-01 a      1273     1    21     2     1
  4.4574110325950755E-01 a      1274     1    21     2     2
 -3.2283308178859255E-01 a      1275     1    21     2     3
  4.7837516382283934E-01 a      1276     1    21     2     4
 -1.7301089016078957E+00 a      1277     1    21     2     5
 -1.7856834544759070E+00 a      1278     1    21     2     6
 -3.3616986851249075E-01 a      1279     1    21     2     7
  9.5452679264526982E-02 a      1280     1    21     2     8
  6.7818771205682382E-01 a      1281     1    21     2     9
 -7.5284398393921059E-01 a      1282     1    21     2    10
 -8.1317911451736835E-01 a      1283     1    21     2    11
 -1.2454531145579126E+00 a      1284     1    21     2    12
 -2.6423410388946988E-01 a      1285     1    21     2    13
  2.8269134852762399E+00 a      1286     1    21     2    14
 -6.9089904110861278E-01 a      1287     1    21     2    15
 -2.9858491766773160E-01 a      1288     1    21     2    16
  4.2036860848547519E-01 a      1289     1    21     2    17
 -4.3957323442557200E-01 a      1290     1    21     2    18
 -5.2041231530147736E-01 a      1291     1    21     2    19
 -3.1778036324756331E-01 a      1292     1    21     2    20
 -1.8714146468391712E-01 a      1293     1    21     2    21
  5.7878542065653011E+00 a      1294     1    21     2    22
  3.0445905148775076E-01 a      1295     1    21     2    23
  8.6757610232447857E-01 a      1296     1    21     2    24
  2.4028532445526185E-01 a      1297     1    22     2     1
 -7.8699409349027205E-01 a      1298     1    22     2     2
  1.9506204201198682E+00 a      1299     1    22     2     3
  7.6372525859452034E-01 a      1300     1    22     2     4
 -2.3213492739899499E-01 a      1301     1    22     2     5
  2.1555614467443092E+00 a      1302     1    22     2     6
 -1.0179796317076166E+00 a      1303     1    22     2     7
  8.4593379322500883E-01 a      1304     1    22     2     8
  4.3723645601429684E-01 a      1305     1    22     2     9
 -9.1443489923163579E-01 a      1306     1    22     2    10
 -7.7688570112048758E-02 a      1307     1    22     2    11
  4.7537284394521800E-01 a      1308     1    22     2    12
 -1.7262199893444818E-01 a      1309     1    22     2    13
 -5.6237203406979068E+00 a      1310     1    22     2    14
 -6.0583628396226230E-01 a      1311     1    22     2    15
 -5.7686557707616593E-01 a      1312     1    22     2    16
 -2.3782964630795153E-01 a      1313     1    22     2    17
 -2.0915729901380331E+00 a      1314     1    22     2    18
 -3.0265709276926550E-01 a      1315     1    22     2    19
 -1.4772431242099633E+00 a      1316     1    22     2    20
 -2.5310376432571258E-01 a      1317     1    22     2    21
  2.2367958835099411E+00 a      1318     1    22     2    22
  1.1496016613189142E+00 a      1319     1    22     2    23
  3.2786932781747608E-01 a      1320     1    22     2    24
 -9.7551670482228792E-01 a      1321     1    23     2     1
 -2.2369094129764617E+00 a      1322     1    23     2     2
 -3.1318005545499998E+00 a      1323     1    23     2     3
 -8.8428569841551841E-02 a      1324     1    23     2     4
 -2.7351620047883642E+00 a      1325     1    23     2     5
 -2.0559481926475622E+00 a      1326     1    23     2     6
 -7.7213046868779472E-02 a      1327     1    23     2     7
 -2.9623861357265791E-01 a      1328     1    23     2     8
 -1.6854752046926447E+00 a      1329     1    23     2     9
  1.9000411638110506E-01 a      1330     1    23     2    10
 -6.7045371395018982E-02 a      1331     1    23     2    11
 -1.8787623481577085E+00 a      1332     1    23     2    12
 -6.2253570792975332E-02 a      1333     1    23     2    13
  7.3434694462843275E+00 a      1334     1    23     2    14
  5.1901187204648003E-01 a      1335     1    23     2    15
 -2.9893837402414408E-01 a      1336     1    23     2    16
  5.4159439124952906E-02 a      1337     1    23     2    17
  4.9443359042091645E-01 a      1338     1    23     2    18
  9.8881599754074045E-01 a      1339     1    23     2    19
  7.4067033264689575E-01 a      1340     1    23     2    20
  1.5877231867419346E+00 a      1341     1    23     2    21
  7.6303730024298100E-01 a      1342     1    23     2    22
 -2.2350496279982179E+00 a      1343     1    23     2    23
 -7.1855952352152763E-01 a      1344     1    23     2    24
  3.5634322457366124E-01 a      1345     1    24     2     1
 -1.6467374356663254E+00 a      1346     1    24     2     2
 -1.2651588853333886E+00 a      1347     1    24     2     3
  3.5259569746208852E-01 a      1348     1    24     2     4
  3.4127508447102994E+00 a      1349     1    24     2     5
 -1.0511082727056262E+00 a      1350     1    24     2     6
 -1.5407702157261864E+00 a      1351     1    24     2     7
  1.0586319105620099E+00 a      1352     1    24     2     8
  1.2640584722029164E+00 a      1353     1    24     2     9
 -3.3816652613918113E-01 a      1354     1    24     2    10
 -5.9428379228358308E-01 a      1355     1    24     2    11
  7.3151546636714371E-01 a      1356     1    24     2    12
  5.7545271042145407E-01 a      1357     1    24     2    13
 -5.0883904024997539E+00 a      1358     1    24     2    14
 -1.5837347153047354E-01 a      1359     1    24     2    15
  1.7455517888749286E+00 a      1360     1    24     2    16
 -2.4699545301195953E+00 a      1361     1    24     2    17
  1.5774087792173352E+00 a      1362     1    24     2    18
 -2.7648449249734008E-01 a      1363     1    24     2    19
  3.0389459279308056E-01 a      1364     1    24     2    20
 -1.2277813067668806E+00 a      1365     1    24     2    21
  3.1764949318194518E+00 a      1366     1    24     2    22
  6.3647530404002561E-01 a      1367     1    24     2    23
  9.1394653924485691E-01 a      1368     1    24     2    24
  1.1257135072474083E+00 b      1369     2     1
  1.2387353048991556E+00 b      1370     2     2
 -2.4366992252069601E+00 b      1371     2     3
  4.7507564345088343E-01 b      1372     2     4
  1.2107768829266674E+00 b      1373     2     5
  2.1257246214151442E+00 b      1374     2     6
  8.7515503039624104E-02 b      1375     2     7
  3.5839469452947466E+00 b      1376     2     8
  3.9203431240228348E-01 b      1377     2     9
 -2.1338052987322967E-01 b      1378     2    10
 -8.5808960280935001E-02 b      1379     2    11
 -1.4263350567646360E-01 b      1380     2    12
 -3.5419817812819399E-01 b      1381     2    13
  1.4295419561866327E+01 b      1382     2    14
  5.4752482143444170E-01 b      1383     2    15
  1.9562004078994724E+00 b      1384     2    16
 -9.8807325828707146E-02 b      1385     2    17
  1.4830706560221514E+00 b      1386     2    18
 -1.9769572292218927E+00 b      1387     2    19
  3.9230404295452465E-01 b      1388     2    20
 -1.0230424780642161E-01 b      1389     2    21
 -2.7569927843257047E+00 b      1390     2    22
  8.0986848637737574E-01 b      1391     2    23
 -1.3022361731240755E+00 b      1392     2    24
 -8.2449017278884118E-01 a      1393     2     1     3     1
 -1.5747421012904361E-01 a      1394     2     2     3     1
 -5.8917984777112818E-02 a      1395     2     3     3     1
  8.8771395102026518E-01 a      1396     2     4     3     1
 -1.9530974177807833E-01 a      1397     2     5     3     1
 -1.1356753693465677E-01 a      1398     2     6     3     1
  3.6930452069156167E-01 a      1399     2     7     3     1
  3.1024461570478962E-01 a      1400     2     8     3     1
 -7.5209209300861324E-01 a      1401     2     9     3     1
  8.7506757453403916E-01 a      1402     2    10     3     1
 -4.6370149990102522E-01 a      1403     2    11     3     1
 -1.4191381775152551E-01 a      1404     2    12     3     1
  9.0748935345221149E-01 a      1405     2    13     3     1
  8.8580347845954666E-01 a      1406     2    14     3     1
 -6.9550603966480118E-01 a      1407     2    15     3     1
  4.0089204733862888E-01 a      1408     2    16     3     1
  3.1334423132967465E-01 a      1409     2    17     3     1
  5.3179877253515828E-01 a      1410     2    18     3     1
  2.6554440468544022E-01 a      1411     2    19     3     1
 -8.6486219504160144E-01 a      1412     2    20     3     1
  9.1960488640657290E-01 a      1413     2    21     3     1
  1.8397621165203208E-02 a      1414     2    22     3     1
  4.3706850185430879E-01 a      1415     2    23     3     1
  2.3228668946439995E-01 a      1416     2    24     3     1
 -4.4885396164656855E-03 b      1417     3     1
