################################################################################
# Neural network connection values (weights and biases).
################################################################################
# Col  Name       Description
################################################################################
# 1    connection Neural network connection value.
# 2    t          Connection type (a = weight, b = bias).
# 3    index      Index enumerating weights.
# 4    l_s        Starting point layer (end point layer for biases).
# 5    n_s        Starting point neuron in starting layer (end point neuron for biases).
# 6    l_e        End point layer.
# 7    n_e        End point neuron in end layer.
################################################################################
#                      1 2         3     4     5     6     7
#             connection t     index   l_s   n_s   l_e   n_e
############################################################
  5.9790859234034777E-01 a         1     0     1     1     1
  1.2310061402953048E+00 a         2     0     1     1     2
  7.8080367374252779E-01 a         3     0     1     1     3
  2.9061569145162093E-02 a         4     0     1     1     4
 -1.0682507366757050E+00 a         5     0     1     1     5
  1.3217743516070761E+00 a         6     0     1     1     6
 -1.3721503378141442E+00 a         7     0     1     1     7
 -1.2642970782940159E+00 a         8     0     1     1     8
 -4.1540156656915963E+00 a         9     0     1     1     9
  1.9619647444409405E+00 a        10     0     1     1    10
  1.9717423871089736E+00 a        11     0     1     1    11
 -7.6295405867535449E-01 a        12     0     1     1    12
  2.9403795617217128E+00 a        13     0     1     1    13
 -4.9716927783053420E+00 a        14     0     1     1    14
  2.1501773254124585E+00 a        15     0     1     1    15
  2.9171546462187341E+00 a        16     0     1     1    16
 -1.3832894362984611E+00 a        17     0     1     1    17
  1.1018804410902092E-01 a        18     0     1     1    18
 -1.5138117894173697E+00 a        19     0     1     1    19
 -1.4429638107486836E-01 a        20     0     1     1    20
  4.6720908593093036E-01 a        21     0     1     1    21
 -9.3944552505560897E-01 a        22     0     1     1    22
  2.0963589692136688E+00 a        23     0     1     1    23
  5.0574203486927294E-01 a        24     0     1     1    24
 -2.8578747213504346E-01 a        25     0     2     1     1
 -7.6898860848948436E-01 a        26     0     2     1     2
  2.7350520712364088E+00 a        27     0     2     1     3
  1.4998338563205618E+00 a        28     0     2     1     4
  1.1618789487531196E+00 a        29     0     2     1     5
  3.6958910713766446E-01 a        30     0     2     1     6
  2.1160568808125886E+00 a        31     0     2     1     7
 -1.7961294927936511E+00 a        32     0     2     1     8
 -2.1921282838576789E-01 a        33     0     2     1     9
  2.0059333131679988E+00 a        34     0     2     1    10
 -2.4086358963603263E+00 a        35     0     2     1    11
 -1.3961516079663988E-01 a        36     0     2     1    12
 -1.6535964713563813E+00 a        37     0     2     1    13
 -8.7289500334757564E-01 a        38     0     2     1    14
 -3.9633359228363929E+00 a        39     0     2     1    15
 -2.1948561878708014E-01 a        40     0     2     1    16
  1.1890603446039743E+00 a        41     0     2     1    17
  8.4856609810101435E-01 a        42     0     2     1    18
 -9.9410857558167565E-01 a        43     0     2     1    19
 -6.0433839953100799E-01 a        44     0     2     1    20
 -4.8523950488683021E-01 a        45     0     2     1    21
 -4.4654007788166461E-01 a        46     0     2     1    22
 -2.8656538251728874E+00 a        47     0     2     1    23
 -4.8902738408371499E-01 a        48     0     2     1    24
 -1.7806833303091369E+00 a        49     0     3     1     1
 -2.6942216018989922E+00 a        50     0     3     1     2
 -3.7466168782878899E+00 a        51     0     3     1     3
  9.6379333468869852E+00 a        52     0     3     1     4
  5.5516003415920823E+00 a        53     0     3     1     5
  3.6451960254968094E+00 a        54     0     3     1     6
  1.7263836087185553E+01 a        55     0     3     1     7
 -1.2396416802308332E+01 a        56     0     3     1     8
  8.3708285789324783E+00 a        57     0     3     1     9
  1.6204722476365244E-01 a        58     0     3     1    10
  5.8231942038721807E-01 a        59     0     3     1    11
 -1.2320485889721313E+01 a        60     0     3     1    12
  1.5984480044428290E-01 a        61     0     3     1    13
 -3.5274561891962288E+00 a        62     0     3     1    14
 -6.8949898235305982E+00 a        63     0     3     1    15
  5.9142251163918456E+00 a        64     0     3     1    16
  5.9571137280088395E+00 a        65     0     3     1    17
 -1.5915241321181723E+00 a        66     0     3     1    18
 -9.7805472876038184E+00 a        67     0     3     1    19
  7.2122598243749865E+00 a        68     0     3     1    20
 -6.4167292660892841E+00 a        69     0     3     1    21
  4.9438388369781725E+00 a        70     0     3     1    22
 -1.2297198464086840E+01 a        71     0     3     1    23
  7.8618052730542942E-01 a        72     0     3     1    24
  3.5942833682547297E+00 a        73     0     4     1     1
  1.9650922145236365E+00 a        74     0     4     1     2
  1.4374604239649140E+00 a        75     0     4     1     3
 -6.7012402013063657E+00 a        76     0     4     1     4
 -1.4322754273922355E+01 a        77     0     4     1     5
 -9.6465616162855259E+00 a        78     0     4     1     6
 -2.1439719487178976E+01 a        79     0     4     1     7
  2.4112921007035130E+01 a        80     0     4     1     8
 -1.4151647710699050E+01 a        81     0     4     1     9
  6.7609669810773525E+00 a        82     0     4     1    10
 -1.0255220517456778E+00 a        83     0     4     1    11
  1.2436718849592802E+01 a        84     0     4     1    12
 -4.7217919309765701E+00 a        85     0     4     1    13
  6.4953411101812790E+00 a        86     0     4     1    14
  3.7596901695463982E+00 a        87     0     4     1    15
 -4.6785856014803677E+00 a        88     0     4     1    16
 -7.4342059439826809E+00 a        89     0     4     1    17
  6.9222350006073707E+00 a        90     0     4     1    18
  9.8676302601052193E+00 a        91     0     4     1    19
 -1.5306068396187829E+01 a        92     0     4     1    20
  1.0600033640608681E+01 a        93     0     4     1    21
 -9.8648923673069788E+00 a        94     0     4     1    22
  2.0224879707504257E+01 a        95     0     4     1    23
 -6.0764007961640418E+00 a        96     0     4     1    24
  2.6800517229641080E-01 a        97     0     5     1     1
 -1.6451745018903259E+00 a        98     0     5     1     2
  1.4219631520956528E+00 a        99     0     5     1     3
 -2.6072625703844288E-01 a       100     0     5     1     4
  3.1296059898001986E-02 a       101     0     5     1     5
 -2.9831441154211069E-01 a       102     0     5     1     6
 -4.1025307020087770E-01 a       103     0     5     1     7
  2.6939532759056461E-01 a       104     0     5     1     8
  7.3429523270323682E-01 a       105     0     5     1     9
 -4.6676710562317736E-01 a       106     0     5     1    10
 -2.3580608241385526E+00 a       107     0     5     1    11
 -1.4735164609505633E-01 a       108     0     5     1    12
 -2.3484267515285175E+00 a       109     0     5     1    13
  3.4047465462676967E+00 a       110     0     5     1    14
 -2.1713926309982667E-01 a       111     0     5     1    15
 -1.0062257156682961E+00 a       112     0     5     1    16
  8.1894377555568643E-01 a       113     0     5     1    17
 -1.1079442289709316E+00 a       114     0     5     1    18
  7.6998406466706126E-01 a       115     0     5     1    19
 -8.5815808797795906E-02 a       116     0     5     1    20
  1.3799561092683665E+00 a       117     0     5     1    21
  9.1103942933244475E-01 a       118     0     5     1    22
 -5.4647608804216541E-01 a       119     0     5     1    23
 -1.4555388373575989E-01 a       120     0     5     1    24
  1.8764109376227156E-01 a       121     0     6     1     1
  1.9968785017211799E-01 a       122     0     6     1     2
 -9.8084232542720626E-02 a       123     0     6     1     3
 -1.4068400099138645E+00 a       124     0     6     1     4
 -1.0186960398038043E+00 a       125     0     6     1     5
  8.7426417397666389E-01 a       126     0     6     1     6
 -1.3945868988514945E-01 a       127     0     6     1     7
  9.2194013372297812E-01 a       128     0     6     1     8
 -9.1360464667514729E-01 a       129     0     6     1     9
  1.0592383739901619E-01 a       130     0     6     1    10
  2.6324133394976029E-01 a       131     0     6     1    11
 -2.9917896769037261E-01 a       132     0     6     1    12
  1.1677741986572117E+00 a       133     0     6     1    13
  1.6245622668008146E+00 a       134     0     6     1    14
  2.2402129026217659E+00 a       135     0     6     1    15
  4.7261682120125620E-01 a       136     0     6     1    16
  3.8366284808252812E-02 a       137     0     6     1    17
  7.6596575467453998E-01 a       138     0     6     1    18
  6.0137832869707608E-01 a       139     0     6     1    19
 -5.0670365396614703E-01 a       140     0     6     1    20
  1.6397300940952872E+00 a       141     0     6     1    21
  6.5386444203543592E-01 a       142     0     6     1    22
  1.2120033371090431E+00 a       143     0     6     1    23
 -3.6567212042409192E-01 a       144     0     6     1    24
 -3.6880263696762663E+00 a       145     0     7     1     1
 -5.1534524474806132E+00 a       146     0     7     1     2
  3.4752950275196928E+00 a       147     0     7     1     3
 -4.3504392997307972E-01 a       148     0     7     1     4
  1.2003098916450664E+01 a       149     0     7     1     5
  1.3760855373629488E+01 a       150     0     7     1     6
  1.0447534231759269E+01 a       151     0     7     1     7
 -1.8881907323295266E+01 a       152     0     7     1     8
  7.0379789780059525E+00 a       153     0     7     1     9
 -6.6028428365524174E+00 a       154     0     7     1    10
 -4.8740947089646767E+00 a       155     0     7     1    11
 -3.3793481941691548E+00 a       156     0     7     1    12
  1.5753570445773133E+00 a       157     0     7     1    13
  1.1649219194580824E+00 a       158     0     7     1    14
  1.5338019098330478E+00 a       159     0     7     1    15
 -2.0578154932078303E+00 a       160     0     7     1    16
  1.9026941685833934E+00 a       161     0     7     1    17
 -7.0135086454318127E+00 a       162     0     7     1    18
 -1.0283999765054070E+00 a       163     0     7     1    19
  9.6475706599874531E+00 a       164     0     7     1    20
 -4.6489559210188292E+00 a       165     0     7     1    21
  9.7952837867004359E+00 a       166     0     7     1    22
 -1.3259891448967469E+01 a       167     0     7     1    23
  4.2079332570082979E+00 a       168     0     7     1    24
  2.4759662942331424E+00 a       169     0     8     1     1
  4.6753444354033364E+00 a       170     0     8     1     2
 -2.3037223106690257E+00 a       171     0     8     1     3
  7.3771605609321278E-01 a       172     0     8     1     4
 -3.9522647953624177E+00 a       173     0     8     1     5
 -7.4614739098397145E+00 a       174     0     8     1     6
 -4.4442551031073059E+00 a       175     0     8     1     7
  8.2228055749442088E+00 a       176     0     8     1     8
 -9.4663668003064849E-01 a       177     0     8     1     9
  2.6792658114520806E+00 a       178     0     8     1    10
  3.7317200248903868E+00 a       179     0     8     1    11
  1.2963760498040486E+00 a       180     0     8     1    12
  1.3778274703448479E+00 a       181     0     8     1    13
 -2.7674892391518240E+00 a       182     0     8     1    14
 -1.5871226697203331E+00 a       183     0     8     1    15
  3.9673112979442067E+00 a       184     0     8     1    16
  1.7258068383422833E+00 a       185     0     8     1    17
  3.1786232354496593E+00 a       186     0     8     1    18
 -8.5648745189839837E-01 a       187     0     8     1    19
 -2.3892866183953285E+00 a       188     0     8     1    20
  3.8216172606483858E+00 a       189     0     8     1    21
 -5.2975911845940375E+00 a       190     0     8     1    22
  3.9530429100882358E+00 a       191     0     8     1    23
  1.2799734594375151E-01 a       192     0     8     1    24
 -5.8412434752276070E+00 a       193     0     9     1     1
 -3.1403029763561219E+00 a       194     0     9     1     2
 -4.2508419204750343E+00 a       195     0     9     1     3
  3.7507273184932979E+00 a       196     0     9     1     4
  9.2119534633505680E+00 a       197     0     9     1     5
 -1.8722441124054798E+00 a       198     0     9     1     6
  3.5382054656939048E+00 a       199     0     9     1     7
 -3.5614804458270655E+00 a       200     0     9     1     8
  6.9340408016100312E+00 a       201     0     9     1     9
 -4.8860748234283777E+00 a       202     0     9     1    10
 -1.5998989462745186E+00 a       203     0     9     1    11
  3.3409754272076246E+00 a       204     0     9     1    12
  9.2565901096716274E-01 a       205     0     9     1    13
  7.3326077594007524E+00 a       206     0     9     1    14
 -2.0748652403769183E+00 a       207     0     9     1    15
 -1.2691868717442971E+00 a       208     0     9     1    16
  2.3414206954076762E+00 a       209     0     9     1    17
 -4.9098521883190355E-01 a       210     0     9     1    18
  7.2984627829855162E+00 a       211     0     9     1    19
 -4.8246314143190334E+00 a       212     0     9     1    20
 -2.2513319267485508E+00 a       213     0     9     1    21
  1.8043484751028147E-01 a       214     0     9     1    22
 -8.5176469177139076E+00 a       215     0     9     1    23
  1.1572143267980596E+01 a       216     0     9     1    24
  4.6546733659133288E+00 a       217     0    10     1     1
  4.7808354453115562E+00 a       218     0    10     1     2
 -5.5546877436938558E-01 a       219     0    10     1     3
  3.6896292686632806E+00 a       220     0    10     1     4
  4.5173838948004669E-01 a       221     0    10     1     5
 -2.5242387376082109E-01 a       222     0    10     1     6
  7.3646538655292082E-01 a       223     0    10     1     7
 -3.5940753750640928E+00 a       224     0    10     1     8
  2.8493033731034676E+00 a       225     0    10     1     9
 -3.9068390756281071E+00 a       226     0    10     1    10
  3.1221982004530419E-01 a       227     0    10     1    11
  7.4561079113543069E+00 a       228     0    10     1    12
  7.0251637073518092E+00 a       229     0    10     1    13
 -2.7418573827137656E+00 a       230     0    10     1    14
  4.8461863535591476E+00 a       231     0    10     1    15
 -8.0709728914374146E-01 a       232     0    10     1    16
 -1.2490371479498572E+00 a       233     0    10     1    17
 -6.9331745667337774E-01 a       234     0    10     1    18
 -1.4232745466886523E+00 a       235     0    10     1    19
  4.7791523385763252E-01 a       236     0    10     1    20
  1.5762881398348303E+00 a       237     0    10     1    21
 -2.6012916737029022E+00 a       238     0    10     1    22
 -3.9714896190980808E+00 a       239     0    10     1    23
  1.1670651418421014E+00 a       240     0    10     1    24
 -9.9227334757216301E+00 a       241     0    11     1     1
  1.0340667509332794E+01 a       242     0    11     1     2
  8.7244805767138907E+00 a       243     0    11     1     3
 -3.2587170582733727E-01 a       244     0    11     1     4
  1.5027634412398864E+01 a       245     0    11     1     5
 -7.0272964892422856E+00 a       246     0    11     1     6
 -7.7137211633847045E+00 a       247     0    11     1     7
 -5.1428931480078903E+00 a       248     0    11     1     8
 -7.5199339511297758E+00 a       249     0    11     1     9
 -8.3805138359595706E+00 a       250     0    11     1    10
 -4.0701657501842741E+00 a       251     0    11     1    11
 -1.2331325651080050E+00 a       252     0    11     1    12
  1.1081325069186191E+01 a       253     0    11     1    13
  4.9291187158904473E+00 a       254     0    11     1    14
  1.1665937155808873E+01 a       255     0    11     1    15
 -3.5698787453331557E+00 a       256     0    11     1    16
 -1.0421622518250657E-01 a       257     0    11     1    17
  7.1505318410401264E+00 a       258     0    11     1    18
  6.2088779994595464E+00 a       259     0    11     1    19
 -4.5473541103210140E+00 a       260     0    11     1    20
  9.3846384046029252E-01 a       261     0    11     1    21
  3.6753563616786242E+00 a       262     0    11     1    22
 -4.9176164514931004E+00 a       263     0    11     1    23
  1.2188701261722461E+01 a       264     0    11     1    24
  1.0022186566250111E+01 a       265     0    12     1     1
 -7.2156120862946080E+00 a       266     0    12     1     2
  1.6102391247662535E+01 a       267     0    12     1     3
 -7.7284827818233417E+00 a       268     0    12     1     4
 -7.7623327937517281E+00 a       269     0    12     1     5
  6.7868480853426609E+00 a       270     0    12     1     6
  1.4755873479858598E+01 a       271     0    12     1     7
  4.9147066126624495E+00 a       272     0    12     1     8
  2.9711331315479681E+00 a       273     0    12     1     9
 -4.1122633952315262E+00 a       274     0    12     1    10
  5.7158185998177906E+00 a       275     0    12     1    11
 -3.7739516566710214E+00 a       276     0    12     1    12
 -1.1182417106301754E+01 a       277     0    12     1    13
  1.0737594540547232E+01 a       278     0    12     1    14
 -1.4078232700444445E+01 a       279     0    12     1    15
  1.6016327119424044E+01 a       280     0    12     1    16
  2.2322354478049910E+01 a       281     0    12     1    17
  6.5497636747882773E+00 a       282     0    12     1    18
  8.2371191619956043E+00 a       283     0    12     1    19
 -5.3171598600085068E-01 a       284     0    12     1    20
 -1.6850483525373654E+01 a       285     0    12     1    21
  9.7770913830891644E+00 a       286     0    12     1    22
  1.3298389072218503E+01 a       287     0    12     1    23
  4.0064471026743975E+00 a       288     0    12     1    24
  3.2830881545289117E+00 a       289     0    13     1     1
 -2.2033513866673218E+00 a       290     0    13     1     2
  2.3217533709677451E+00 a       291     0    13     1     3
  3.4765581160974706E+00 a       292     0    13     1     4
  2.0902944687559097E+00 a       293     0    13     1     5
 -2.8700087762315785E-01 a       294     0    13     1     6
  3.5058036228365914E+00 a       295     0    13     1     7
 -5.4435819256990152E+00 a       296     0    13     1     8
  1.1797179470791805E+00 a       297     0    13     1     9
  1.2083323648161115E+00 a       298     0    13     1    10
 -4.1900172999266800E+00 a       299     0    13     1    11
  7.9134889447153380E+00 a       300     0    13     1    12
 -3.5796618643948688E+00 a       301     0    13     1    13
 -5.5357814029495840E+00 a       302     0    13     1    14
 -1.1402903032234940E+01 a       303     0    13     1    15
 -1.7348797903332096E+00 a       304     0    13     1    16
 -1.8356345141685868E+00 a       305     0    13     1    17
 -2.9658221746514362E+00 a       306     0    13     1    18
  4.4742571916340763E+00 a       307     0    13     1    19
  2.1339018153071851E+00 a       308     0    13     1    20
 -7.4547650172838011E+00 a       309     0    13     1    21
 -1.1165391470522468E+00 a       310     0    13     1    22
  1.6301912268389260E+00 a       311     0    13     1    23
 -8.5682611461105707E-01 a       312     0    13     1    24
 -2.0789465747489288E+01 a       313     0    14     1     1
 -1.4136655661988856E+01 a       314     0    14     1     2
  2.0185561582855289E+01 a       315     0    14     1     3
 -3.6199586170166590E+01 a       316     0    14     1     4
  1.2067306880719057E+01 a       317     0    14     1     5
 -2.5021266690020074E+01 a       318     0    14     1     6
 -4.9181485224090293E+00 a       319     0    14     1     7
 -1.2240460034041853E+01 a       320     0    14     1     8
 -7.7098163955002992E+00 a       321     0    14     1     9
  1.5265585697142324E+01 a       322     0    14     1    10
  5.8781808128017436E+00 a       323     0    14     1    11
 -1.6990691925415049E+01 a       324     0    14     1    12
 -2.8361736863059885E+01 a       325     0    14     1    13
 -1.0831187846064021E+00 a       326     0    14     1    14
  1.9772421491757264E+01 a       327     0    14     1    15
  1.9044042776200332E+00 a       328     0    14     1    16
 -2.3625497058591751E+00 a       329     0    14     1    17
 -2.8280348573052843E+00 a       330     0    14     1    18
 -9.0742708087216659E+00 a       331     0    14     1    19
 -3.0151375532764502E+00 a       332     0    14     1    20
  2.6106194751044594E+01 a       333     0    14     1    21
  1.4198381936584274E+01 a       334     0    14     1    22
 -1.5757552299415314E+01 a       335     0    14     1    23
  2.2481560799850484E+01 a       336     0    14     1    24
  3.1383322265769598E-01 a       337     0    15     1     1
 -4.5744075001178169E-01 a       338     0    15     1     2
  4.8507881973825464E+00 a       339     0    15     1     3
 -3.1809136617455023E+00 a       340     0    15     1     4
 -3.0629864715943720E+00 a       341     0    15     1     5
  2.0352969545155126E+00 a       342     0    15     1     6
  1.8173026407140995E+00 a       343     0    15     1     7
 -3.4058157956027379E-01 a       344     0    15     1     8
 -9.6465132742567766E-02 a       345     0    15     1     9
 -8.3458625130169717E-01 a       346     0    15     1    10
  1.1048258618763735E+00 a       347     0    15     1    11
 -3.5228930022323182E+00 a       348     0    15     1    12
  1.8352485461745707E+00 a       349     0    15     1    13
  1.1350826494926924E+00 a       350     0    15     1    14
  1.1205679600927190E+00 a       351     0    15     1    15
  5.7994798619437848E-01 a       352     0    15     1    16
  9.2141872286406612E-01 a       353     0    15     1    17
 -1.0314696279785482E+00 a       354     0    15     1    18
  7.6485267333543461E-01 a       355     0    15     1    19
 -2.1109864872314279E-02 a       356     0    15     1    20
 -4.5156830770877919E-02 a       357     0    15     1    21
  1.3926763477054769E+00 a       358     0    15     1    22
  3.7409642660684397E+00 a       359     0    15     1    23
  1.4242026010486903E+00 a       360     0    15     1    24
  2.1538901274884203E+00 a       361     0    16     1     1
 -2.1702262006694752E+00 a       362     0    16     1     2
  4.0808369352763894E+00 a       363     0    16     1     3
  3.8010404174662762E+00 a       364     0    16     1     4
 -4.6576778838331618E+00 a       365     0    16     1     5
 -1.5568252138545546E+00 a       366     0    16     1     6
  3.1856831174656741E+00 a       367     0    16     1     7
 -1.5586380692508936E-01 a       368     0    16     1     8
 -5.0961982659280336E-01 a       369     0    16     1     9
  1.3133474798836338E+00 a       370     0    16     1    10
 -1.1848288055180367E+00 a       371     0    16     1    11
 -1.5058385031366734E+00 a       372     0    16     1    12
 -1.5363340017769052E+00 a       373     0    16     1    13
 -1.2115730711986239E+00 a       374     0    16     1    14
 -3.4237050065765389E+00 a       375     0    16     1    15
 -8.6332733114805893E-01 a       376     0    16     1    16
 -2.5307366300558511E+00 a       377     0    16     1    17
 -4.1990651043331972E-01 a       378     0    16     1    18
  1.2740169845282379E+00 a       379     0    16     1    19
 -2.0501708298610608E+00 a       380     0    16     1    20
 -3.3722597266510075E+00 a       381     0    16     1    21
 -6.6283694569552742E-01 a       382     0    16     1    22
  1.0052444516035699E+00 a       383     0    16     1    23
 -1.1463090299793595E+00 a       384     0    16     1    24
 -9.1441342705267192E-01 a       385     0    17     1     1
 -5.6629318038620253E+00 a       386     0    17     1     2
  1.6429775939837277E+00 a       387     0    17     1     3
  2.5971493365210105E+00 a       388     0    17     1     4
 -4.5437102078201370E+00 a       389     0    17     1     5
 -9.1558614125655744E+00 a       390     0    17     1     6
  1.6404120993508928E+00 a       391     0    17     1     7
  2.9651285973922903E+00 a       392     0    17     1     8
 -1.9702051098711661E+00 a       393     0    17     1     9
  4.2915084676537258E+00 a       394     0    17     1    10
  7.2714287738975619E-02 a       395     0    17     1    11
 -9.0794686578611383E+00 a       396     0    17     1    12
 -9.4929769140631901E+00 a       397     0    17     1    13
  3.0929899129755540E+00 a       398     0    17     1    14
 -1.4963974983463177E-01 a       399     0    17     1    15
  2.4059024784893599E+00 a       400     0    17     1    16
 -1.1707981108280008E-01 a       401     0    17     1    17
  2.1940458967372360E+00 a       402     0    17     1    18
 -1.6871607194580178E+00 a       403     0    17     1    19
 -3.0224922943494241E+00 a       404     0    17     1    20
  1.3433351676805108E+00 a       405     0    17     1    21
  3.2051426406640044E+00 a       406     0    17     1    22
 -4.5652761453700892E+00 a       407     0    17     1    23
  1.3502425979572779E+00 a       408     0    17     1    24
  1.9241510411924889E+01 a       409     0    18     1     1
  6.0321652160737331E+00 a       410     0    18     1     2
  5.9798848217899785E+00 a       411     0    18     1     3
 -1.0691194389029354E+01 a       412     0    18     1     4
 -1.3147349870275074E+01 a       413     0    18     1     5
  4.2348466707565811E+00 a       414     0    18     1     6
 -7.2525622555743876E+00 a       415     0    18     1     7
  1.0602081249280902E+01 a       416     0    18     1     8
 -1.1612139181463652E-01 a       417     0    18     1     9
  6.8047672973296143E+00 a       418     0    18     1    10
 -8.4003668040361623E-01 a       419     0    18     1    11
  1.3069820490552815E+00 a       420     0    18     1    12
 -6.7694762696255246E+00 a       421     0    18     1    13
 -8.8209325163546310E+00 a       422     0    18     1    14
  1.7052785314542311E+00 a       423     0    18     1    15
  6.4891562603121065E+00 a       424     0    18     1    16
  2.0573228248365445E-02 a       425     0    18     1    17
  9.2624914228224373E+00 a       426     0    18     1    18
 -1.3642536901408672E+01 a       427     0    18     1    19
  1.4273387363412068E+01 a       428     0    18     1    20
  8.8385878971180407E+00 a       429     0    18     1    21
  8.2714820972889500E-02 a       430     0    18     1    22
 -5.6050776898758226E-01 a       431     0    18     1    23
 -2.7293344929420911E+01 a       432     0    18     1    24
 -8.4441843490803201E+00 a       433     0    19     1     1
  3.7085006768167678E-01 a       434     0    19     1     2
 -1.8187402760482732E+00 a       435     0    19     1     3
 -1.2225746338923871E+01 a       436     0    19     1     4
 -2.3473582325422755E+00 a       437     0    19     1     5
  6.7355386294962438E-01 a       438     0    19     1     6
 -9.9541069649073393E+00 a       439     0    19     1     7
  1.0544389056646414E+01 a       440     0    19     1     8
 -2.5467922000758900E+00 a       441     0    19     1     9
 -2.7743707712014914E-01 a       442     0    19     1    10
  7.7979018792032893E+00 a       443     0    19     1    11
 -2.0983706324826340E+01 a       444     0    19     1    12
  1.5989925267195892E+00 a       445     0    19     1    13
  1.0614113867367639E+01 a       446     0    19     1    14
  1.5341367395555665E+01 a       447     0    19     1    15
  2.6094845518903198E+00 a       448     0    19     1    16
  4.5041664215214530E+00 a       449     0    19     1    17
  4.7077934942946529E+00 a       450     0    19     1    18
 -1.2067859807249421E+01 a       451     0    19     1    19
 -3.5253706681078025E+00 a       452     0    19     1    20
  1.1854885794697218E+01 a       453     0    19     1    21
  4.6226985752054093E+00 a       454     0    19     1    22
 -3.0475915937392926E+00 a       455     0    19     1    23
  3.5030438717305876E+00 a       456     0    19     1    24
  2.8626630059593438E+01 a       457     0    20     1     1
 -1.4516556072162370E+01 a       458     0    20     1     2
 -9.8785123926327874E+00 a       459     0    20     1     3
 -1.7814470701140049E+01 a       460     0    20     1     4
 -2.3320914900089047E+01 a       461     0    20     1     5
  2.0019607531752563E+01 a       462     0    20     1     6
  5.0073552032085757E+00 a       463     0    20     1     7
  4.1044567674303352E+00 a       464     0    20     1     8
  2.1539010949522961E+01 a       465     0    20     1     9
  1.1568506043713091E+01 a       466     0    20     1    10
  2.3924623976877221E+01 a       467     0    20     1    11
  2.9281090864299884E+01 a       468     0    20     1    12
 -6.5181030759058505E+00 a       469     0    20     1    13
 -2.3301005411632907E+01 a       470     0    20     1    14
 -9.9566388413011069E+00 a       471     0    20     1    15
 -1.7889712373446567E+00 a       472     0    20     1    16
 -1.0375718555682676E+01 a       473     0    20     1    17
 -1.5476670583472824E+01 a       474     0    20     1    18
 -1.9468938879539653E+01 a       475     0    20     1    19
  9.0360357800047790E+00 a       476     0    20     1    20
  1.7790817276119029E+01 a       477     0    20     1    21
 -1.9082174708891507E+01 a       478     0    20     1    22
  7.4460699091975675E+00 a       479     0    20     1    23
 -2.0884565789647372E+01 a       480     0    20     1    24
 -9.9842221926314796E+00 a       481     0    21     1     1
 -1.2699352564364428E+00 a       482     0    21     1     2
 -9.0809348288621941E+00 a       483     0    21     1     3
  9.2943184874447198E+00 a       484     0    21     1     4
  7.5047494746782810E+00 a       485     0    21     1     5
 -7.5622402695506459E+00 a       486     0    21     1     6
 -3.4473321902359011E+00 a       487     0    21     1     7
 -3.7729809929604161E+00 a       488     0    21     1     8
 -4.0085740833518890E-01 a       489     0    21     1     9
  9.7394048209343009E-01 a       490     0    21     1    10
 -3.0597311053572600E+00 a       491     0    21     1    11
  1.2338036568875819E+00 a       492     0    21     1    12
  1.9798368367670642E+00 a       493     0    21     1    13
  1.1148640976081353E-01 a       494     0    21     1    14
  1.0813823334409900E+00 a       495     0    21     1    15
 -7.6015322788462480E+00 a       496     0    21     1    16
 -1.0321250592291085E+01 a       497     0    21     1    17
 -3.8551169422863287E+00 a       498     0    21     1    18
  2.2884689202925173E+00 a       499     0    21     1    19
 -8.2725755431257841E+00 a       500     0    21     1    20
  2.7850448125245492E-01 a       501     0    21     1    21
 -4.0815683017682254E+00 a       502     0    21     1    22
 -5.3913565314404677E+00 a       503     0    21     1    23
  9.1839213311130852E+00 a       504     0    21     1    24
 -5.8108072570204197E+00 a       505     0    22     1     1
  1.6696883929369235E+01 a       506     0    22     1     2
 -4.9985689277679501E-01 a       507     0    22     1     3
  1.5487217355261368E+01 a       508     0    22     1     4
  1.0181067560187241E+01 a       509     0    22     1     5
  3.7442908504405605E+00 a       510     0    22     1     6
 -3.6618667633679540E+00 a       511     0    22     1     7
 -7.7507643107195423E-01 a       512     0    22     1     8
 -6.1013768236378798E+00 a       513     0    22     1     9
 -1.2927154920443115E+01 a       514     0    22     1    10
 -1.1745895481089921E+01 a       515     0    22     1    11
 -1.8874501657811160E-01 a       516     0    22     1    12
  2.2496094059038001E+01 a       517     0    22     1    13
  6.3919349416715265E+00 a       518     0    22     1    14
 -4.6445196027862862E-01 a       519     0    22     1    15
 -1.9502515469224302E+00 a       520     0    22     1    16
  4.3794598041097448E+00 a       521     0    22     1    17
  6.5817934447673974E+00 a       522     0    22     1    18
  1.1956950564968187E+01 a       523     0    22     1    19
 -3.0907231845003387E+00 a       524     0    22     1    20
 -1.6475551546539453E+01 a       525     0    22     1    21
 -9.2227519437132310E-01 a       526     0    22     1    22
  6.1017312018528536E+00 a       527     0    22     1    23
  2.2123706399314766E+00 a       528     0    22     1    24
 -3.3363509964688980E+00 a       529     0    23     1     1
  6.3129032018493370E-01 a       530     0    23     1     2
  1.2870972503776323E+00 a       531     0    23     1     3
 -4.1347519324293300E-02 a       532     0    23     1     4
  1.8125834453236183E+00 a       533     0    23     1     5
  1.1894316639907032E+00 a       534     0    23     1     6
  4.7500607588626020E-01 a       535     0    23     1     7
 -2.6709169037864233E-01 a       536     0    23     1     8
  8.5509523798097353E-01 a       537     0    23     1     9
 -7.5456117981976523E-01 a       538     0    23     1    10
  9.3578299413433330E-01 a       539     0    23     1    11
 -2.0075726027756793E+00 a       540     0    23     1    12
  2.0184254034623397E+00 a       541     0    23     1    13
  3.5734139393767115E+00 a       542     0    23     1    14
  1.7687628987033239E+00 a       543     0    23     1    15
 -1.3796847207727272E+00 a       544     0    23     1    16
  1.8280656588094188E+00 a       545     0    23     1    17
 -3.3770085084786325E+00 a       546     0    23     1    18
  1.8650360340403072E+00 a       547     0    23     1    19
  1.1460535876187377E+00 a       548     0    23     1    20
  1.0413198977699845E+00 a       549     0    23     1    21
  1.6751703123145443E+00 a       550     0    23     1    22
  3.2022973364571867E+00 a       551     0    23     1    23
  5.7235856870055468E-01 a       552     0    23     1    24
  4.0884786830227754E-01 a       553     0    24     1     1
 -4.4766673878539998E-01 a       554     0    24     1     2
  3.3289010976308625E-01 a       555     0    24     1     3
  5.0064120063834521E+00 a       556     0    24     1     4
 -1.3158233624553348E+00 a       557     0    24     1     5
 -3.8278318254730126E-01 a       558     0    24     1     6
  2.6678443447773246E+00 a       559     0    24     1     7
  1.7487882355467159E+00 a       560     0    24     1     8
 -2.6896253098020750E-01 a       561     0    24     1     9
  3.1826349283327654E-01 a       562     0    24     1    10
  7.4415613988501539E-01 a       563     0    24     1    11
 -1.1581005619754747E+00 a       564     0    24     1    12
 -3.4559145589028923E+00 a       565     0    24     1    13
  9.1682539469052027E-01 a       566     0    24     1    14
 -4.1295938647951574E-01 a       567     0    24     1    15
  1.9213008457025008E-01 a       568     0    24     1    16
  2.7072186295361069E+00 a       569     0    24     1    17
  3.3077548557459974E-01 a       570     0    24     1    18
  1.5391069344873853E+00 a       571     0    24     1    19
  1.4338717486411900E+00 a       572     0    24     1    20
 -1.6207418710285966E+00 a       573     0    24     1    21
  3.1320219863886161E+00 a       574     0    24     1    22
  1.9152762547256867E+00 a       575     0    24     1    23
 -8.4214423600290667E-01 a       576     0    24     1    24
 -2.4648032090471750E+00 a       577     0    25     1     1
 -1.2686104515257228E+00 a       578     0    25     1     2
 -1.1062248440558935E+00 a       579     0    25     1     3
  5.4721930129665042E+00 a       580     0    25     1     4
  4.0407003407392461E-01 a       581     0    25     1     5
 -6.1422091644849282E+00 a       582     0    25     1     6
  1.2267471300127417E+00 a       583     0    25     1     7
  5.4600967467870918E+00 a       584     0    25     1     8
 -4.0644883459705001E+00 a       585     0    25     1     9
  3.3051682359685688E+00 a       586     0    25     1    10
 -1.3820537295315953E+00 a       587     0    25     1    11
 -4.8228076272104374E+00 a       588     0    25     1    12
 -4.3216339013230192E+00 a       589     0    25     1    13
  5.3273647558252613E+00 a       590     0    25     1    14
 -7.2968551917190783E-01 a       591     0    25     1    15
  3.0004891977628994E+00 a       592     0    25     1    16
  2.3568949459147301E+00 a       593     0    25     1    17
  5.9353665102361823E+00 a       594     0    25     1    18
  1.2667983046098419E+00 a       595     0    25     1    19
 -2.8003783589549314E+00 a       596     0    25     1    20
 -1.5774368906244274E+00 a       597     0    25     1    21
  4.5551657875641851E+00 a       598     0    25     1    22
  1.7775587295805897E+00 a       599     0    25     1    23
  2.3184036072433337E-01 a       600     0    25     1    24
  1.4332500117802778E+00 a       601     0    26     1     1
 -1.4366029019096858E+00 a       602     0    26     1     2
 -4.4129308353329204E+00 a       603     0    26     1     3
  3.7576300035627104E+00 a       604     0    26     1     4
  2.6668565545948608E+00 a       605     0    26     1     5
 -1.3396538414124373E+00 a       606     0    26     1     6
  1.6527396894901547E+00 a       607     0    26     1     7
  1.8971947815934323E-01 a       608     0    26     1     8
 -8.7561082635740384E-01 a       609     0    26     1     9
 -6.5024657095176919E-01 a       610     0    26     1    10
 -1.3358523464900743E-01 a       611     0    26     1    11
  4.4855858405091400E+00 a       612     0    26     1    12
 -2.4147684723860832E+00 a       613     0    26     1    13
 -1.6321625382902873E+00 a       614     0    26     1    14
 -2.3138328035011484E+00 a       615     0    26     1    15
  1.1721974186284407E+00 a       616     0    26     1    16
  4.0630176287108555E-01 a       617     0    26     1    17
  2.9039509072710170E+00 a       618     0    26     1    18
 -1.2494158430038637E-02 a       619     0    26     1    19
 -1.5778567288067007E+00 a       620     0    26     1    20
 -2.8205122577017616E+00 a       621     0    26     1    21
 -2.3590627243359968E-01 a       622     0    26     1    22
 -2.4172590850980704E+00 a       623     0    26     1    23
  2.1244881220462823E+00 a       624     0    26     1    24
  3.7074220116354867E-01 a       625     0    27     1     1
  3.8622102754265879E+00 a       626     0    27     1     2
 -5.1385383585285771E+00 a       627     0    27     1     3
 -2.6972888085946627E+00 a       628     0    27     1     4
  7.0591915871715054E+00 a       629     0    27     1     5
  1.0071728859259488E+00 a       630     0    27     1     6
 -1.6055104735548724E+00 a       631     0    27     1     7
 -3.6063495235315086E+00 a       632     0    27     1     8
  2.6864280404273919E+00 a       633     0    27     1     9
 -1.8026932413819199E+00 a       634     0    27     1    10
 -6.1314692370091861E-01 a       635     0    27     1    11
  9.6936410909096207E+00 a       636     0    27     1    12
  4.3636112581070661E+00 a       637     0    27     1    13
 -3.3323494731261061E+00 a       638     0    27     1    14
 -3.2496785054257510E-01 a       639     0    27     1    15
 -1.0602279996762198E+00 a       640     0    27     1    16
 -1.3807527443956433E+00 a       641     0    27     1    17
 -1.4168431407131046E+00 a       642     0    27     1    18
  1.6625590263827866E-01 a       643     0    27     1    19
  2.3684791983131799E+00 a       644     0    27     1    20
  1.5096145386152744E+00 a       645     0    27     1    21
 -3.1261637653002881E+00 a       646     0    27     1    22
 -6.7301041178420729E-01 a       647     0    27     1    23
  1.7111593029752992E+00 a       648     0    27     1    24
 -3.6365462089496421E+00 a       649     0    28     1     1
  3.3804878518077910E+00 a       650     0    28     1     2
  1.4921323140016034E+00 a       651     0    28     1     3
 -5.6118200985087254E+00 a       652     0    28     1     4
  6.9178789401732361E+00 a       653     0    28     1     5
  5.7974727655478695E+00 a       654     0    28     1     6
 -1.0329722081203354E+00 a       655     0    28     1     7
 -7.1654700823517192E+00 a       656     0    28     1     8
  7.4913869118347842E-01 a       657     0    28     1     9
 -4.6078357730181905E+00 a       658     0    28     1    10
 -1.6680230416170936E+00 a       659     0    28     1    11
  2.9286418589640100E+00 a       660     0    28     1    12
  3.5978399180382796E+00 a       661     0    28     1    13
 -2.4643290895638508E+00 a       662     0    28     1    14
  3.6585810201788966E+00 a       663     0    28     1    15
 -3.6020197735455688E+00 a       664     0    28     1    16
  4.7116396282907941E-01 a       665     0    28     1    17
 -5.4278453409836693E+00 a       666     0    28     1    18
  7.0426210926633181E-01 a       667     0    28     1    19
  3.7643903872171167E+00 a       668     0    28     1    20
  1.3762180936514166E+00 a       669     0    28     1    21
  4.1269880607653703E-01 a       670     0    28     1    22
 -6.8605486845139074E-01 a       671     0    28     1    23
  4.1780445782503479E+00 a       672     0    28     1    24
 -9.6133251260870107E+00 a       673     0    29     1     1
  6.4709252180867489E+00 a       674     0    29     1     2
 -1.3526675196999049E+01 a       675     0    29     1     3
  7.2172207015122387E+00 a       676     0    29     1     4
  7.3985727613033614E+00 a       677     0    29     1     5
 -3.5527936914489411E+00 a       678     0    29     1     6
 -1.1874105513591505E+01 a       679     0    29     1     7
 -6.4264732216299398E+00 a       680     0    29     1     8
 -4.8646540991093836E+00 a       681     0    29     1     9
  2.7085173300082492E+00 a       682     0    29     1    10
 -2.9549820618523350E+00 a       683     0    29     1    11
  2.0931331695702875E+00 a       684     0    29     1    12
  1.2590698997259885E+01 a       685     0    29     1    13
 -1.1243877637020089E+01 a       686     0    29     1    14
  1.4165572423167033E+01 a       687     0    29     1    15
 -1.4870696489545383E+01 a       688     0    29     1    16
 -1.7924189980349990E+01 a       689     0    29     1    17
 -9.4463531266239187E+00 a       690     0    29     1    18
 -8.0826097264677568E+00 a       691     0    29     1    19
  1.8623517590438365E+00 a       692     0    29     1    20
  1.3189733679470359E+01 a       693     0    29     1    21
 -6.6590751073969976E+00 a       694     0    29     1    22
 -7.9276112533467300E+00 a       695     0    29     1    23
 -1.0530037145445881E+00 a       696     0    29     1    24
  1.5856032697248679E+01 a       697     0    30     1     1
  6.8769911639821020E+00 a       698     0    30     1     2
 -1.8828054587656094E+01 a       699     0    30     1     3
  3.7290036446021695E+01 a       700     0    30     1     4
 -1.2867796876172005E+01 a       701     0    30     1     5
  1.6452210747832922E+01 a       702     0    30     1     6
  8.1662493928691156E+00 a       703     0    30     1     7
  1.0383839612483774E+01 a       704     0    30     1     8
  4.1521892750703033E+00 a       705     0    30     1     9
 -1.0063038386264177E+01 a       706     0    30     1    10
 -9.6362636145102538E+00 a       707     0    30     1    11
  2.4749959275372273E+00 a       708     0    30     1    12
  1.4078333785099170E+01 a       709     0    30     1    13
  3.6589126104311731E+00 a       710     0    30     1    14
 -2.0065183044362069E+01 a       711     0    30     1    15
  3.5452034098600991E+00 a       712     0    30     1    16
  6.1382653296833940E+00 a       713     0    30     1    17
  3.1431923594636668E+00 a       714     0    30     1    18
  9.8674802042901959E+00 a       715     0    30     1    19
  4.3288368984708399E+00 a       716     0    30     1    20
 -2.8911514160213223E+01 a       717     0    30     1    21
 -4.7211883958185137E+00 a       718     0    30     1    22
  8.5722453260422427E+00 a       719     0    30     1    23
 -1.8161307457284753E+01 a       720     0    30     1    24
 -6.7423142543689107E-01 a       721     0    31     1     1
  8.2563684158528083E-01 a       722     0    31     1     2
 -6.6264616544829469E-01 a       723     0    31     1     3
  1.0514680304743174E+00 a       724     0    31     1     4
 -7.3462820910537949E-02 a       725     0    31     1     5
  1.5013426382216628E+00 a       726     0    31     1     6
  1.0137266004611296E+00 a       727     0    31     1     7
 -5.2992292918201422E-01 a       728     0    31     1     8
  1.0664829934394446E+00 a       729     0    31     1     9
  9.4000122774432815E-02 a       730     0    31     1    10
  4.6020494315727656E-01 a       731     0    31     1    11
  4.0613156938945832E-01 a       732     0    31     1    12
 -5.3162142523777392E-02 a       733     0    31     1    13
 -3.3915745306524064E-01 a       734     0    31     1    14
  1.5311973663904108E+00 a       735     0    31     1    15
 -5.2010023455897580E-01 a       736     0    31     1    16
 -1.8806983790064313E+00 a       737     0    31     1    17
  5.3687195502934060E-01 a       738     0    31     1    18
 -1.5069058115355041E+00 a       739     0    31     1    19
 -3.6361418805931955E-01 a       740     0    31     1    20
 -2.3407858862085737E-01 a       741     0    31     1    21
 -5.1922469598628296E-01 a       742     0    31     1    22
  6.7275694442518907E-02 a       743     0    31     1    23
 -1.4827615846417173E+00 a       744     0    31     1    24
  1.4106425052875740E+00 a       745     0    32     1     1
  2.4242309940005546E-01 a       746     0    32     1     2
  4.3625214932855405E-01 a       747     0    32     1     3
  7.4672639455927992E-01 a       748     0    32     1     4
 -9.5382808476103931E-01 a       749     0    32     1     5
 -8.0476011713701578E-01 a       750     0    32     1     6
  4.2326998821412234E-02 a       751     0    32     1     7
 -4.4816842948124525E-01 a       752     0    32     1     8
 -1.0140504341845493E+00 a       753     0    32     1     9
  2.8597053049882992E-01 a       754     0    32     1    10
 -1.0028300843108220E-01 a       755     0    32     1    11
  4.7827634037826366E-01 a       756     0    32     1    12
  6.7634047832771338E-01 a       757     0    32     1    13
 -3.8826528573556152E-01 a       758     0    32     1    14
  8.1901324579443746E-01 a       759     0    32     1    15
  1.0995188968681160E-01 a       760     0    32     1    16
 -3.9717097778647570E-01 a       761     0    32     1    17
  1.2123829818412342E+00 a       762     0    32     1    18
 -2.4276187809091326E-01 a       763     0    32     1    19
 -6.8156705579953059E-01 a       764     0    32     1    20
 -1.7960757022375112E-01 a       765     0    32     1    21
 -4.4775602100060974E-01 a       766     0    32     1    22
 -6.4604438543892106E-01 a       767     0    32     1    23
 -3.6910984467245034E-01 a       768     0    32     1    24
 -2.9430921725203224E-01 a       769     0    33     1     1
  6.4360204422182665E-01 a       770     0    33     1     2
 -4.0304870881301363E-01 a       771     0    33     1     3
  1.0850253375890857E+00 a       772     0    33     1     4
  6.5143793905930103E-01 a       773     0    33     1     5
 -3.5111167484356304E-01 a       774     0    33     1     6
  2.9283349716854640E-01 a       775     0    33     1     7
 -6.9912496225474352E-02 a       776     0    33     1     8
  6.7636754928499720E-01 a       777     0    33     1     9
 -6.2061473470884310E-01 a       778     0    33     1    10
  9.1098689013697332E-01 a       779     0    33     1    11
 -4.3457791627013659E-01 a       780     0    33     1    12
  2.5892470147459223E-01 a       781     0    33     1    13
 -2.5060575266165219E-01 a       782     0    33     1    14
  4.2415083244138052E-01 a       783     0    33     1    15
 -2.3615146195662659E-01 a       784     0    33     1    16
  1.3630099321578162E+00 a       785     0    33     1    17
 -4.0525975759732569E-01 a       786     0    33     1    18
 -2.8338842135423709E-01 a       787     0    33     1    19
  8.0617691158460972E-02 a       788     0    33     1    20
  1.0372914929244172E+00 a       789     0    33     1    21
  3.1788055097430649E-02 a       790     0    33     1    22
 -4.4197541567085852E-01 a       791     0    33     1    23
  7.7919386251316713E-01 a       792     0    33     1    24
 -8.5632083807630965E-01 a       793     0    34     1     1
  1.1505506188945758E+00 a       794     0    34     1     2
 -1.9002103955011007E-01 a       795     0    34     1     3
 -8.0843767359922880E-01 a       796     0    34     1     4
 -2.6492688701405120E-01 a       797     0    34     1     5
  1.3579731518603562E+00 a       798     0    34     1     6
  1.1997418905850032E+00 a       799     0    34     1     7
 -1.4962668849961017E-01 a       800     0    34     1     8
  1.5045629153312741E+00 a       801     0    34     1     9
  7.3246993863160026E-02 a       802     0    34     1    10
 -1.3725430250166665E-02 a       803     0    34     1    11
 -8.5720987150158801E-01 a       804     0    34     1    12
  1.7082758897945840E+00 a       805     0    34     1    13
  5.9685919648890073E-01 a       806     0    34     1    14
 -1.0137018062206943E-01 a       807     0    34     1    15
  2.6575025844696568E-02 a       808     0    34     1    16
  9.7302671436015475E-01 a       809     0    34     1    17
 -1.1596440923489040E-01 a       810     0    34     1    18
 -1.1124138139611450E+00 a       811     0    34     1    19
  1.5340126077488675E-01 a       812     0    34     1    20
  2.7814514962562442E-01 a       813     0    34     1    21
 -3.4402142164660843E-01 a       814     0    34     1    22
 -4.3248693682911310E-01 a       815     0    34     1    23
 -5.5565337400633241E-01 a       816     0    34     1    24
  9.5096726060069392E-01 a       817     0    35     1     1
  3.6063339812575107E-01 a       818     0    35     1     2
  2.7617364279128704E+00 a       819     0    35     1     3
 -8.5599019412441302E-01 a       820     0    35     1     4
 -1.6847811988668565E-01 a       821     0    35     1     5
  8.4578403318334258E-02 a       822     0    35     1     6
 -3.6937548575090767E-01 a       823     0    35     1     7
 -1.3308545802598859E+00 a       824     0    35     1     8
  7.3672372888790494E-01 a       825     0    35     1     9
  5.1423194708554587E-01 a       826     0    35     1    10
  1.3998609878151764E+00 a       827     0    35     1    11
  5.6977870600440558E-02 a       828     0    35     1    12
 -1.9659239189993297E-01 a       829     0    35     1    13
 -2.8189085263332694E+00 a       830     0    35     1    14
  1.2184765454068962E+00 a       831     0    35     1    15
  6.0813205695287600E-02 a       832     0    35     1    16
 -2.2652636866660862E+00 a       833     0    35     1    17
  3.6099690141094348E-01 a       834     0    35     1    18
 -9.5712355310532116E-01 a       835     0    35     1    19
  1.0386419400063712E-01 a       836     0    35     1    20
 -1.4090551174256413E-01 a       837     0    35     1    21
 -5.1537402901793053E-02 a       838     0    35     1    22
  3.2979952540708102E-01 a       839     0    35     1    23
  1.2050251085388199E+00 a       840     0    35     1    24
  7.1073958816058047E-02 a       841     0    36     1     1
  1.0918491161897939E+00 a       842     0    36     1     2
 -1.9389015173295936E+00 a       843     0    36     1     3
  9.1582869828457469E-01 a       844     0    36     1     4
  1.2318209667286275E+00 a       845     0    36     1     5
 -5.0633941080793543E-01 a       846     0    36     1     6
  5.7048671065840839E-01 a       847     0    36     1     7
  1.2923051506498343E-01 a       848     0    36     1     8
  6.2101450537638014E-01 a       849     0    36     1     9
 -1.8756875377608376E-01 a       850     0    36     1    10
  9.9099366680846568E-01 a       851     0    36     1    11
  1.4445970086187279E+00 a       852     0    36     1    12
  5.5395497788709412E-02 a       853     0    36     1    13
 -1.0888921693804252E+00 a       854     0    36     1    14
  2.3270922969865571E+00 a       855     0    36     1    15
 -1.3315818201138074E+00 a       856     0    36     1    16
 -1.2240460999286016E+00 a       857     0    36     1    17
  4.9626468496716314E-02 a       858     0    36     1    18
 -5.5571324140177902E-01 a       859     0    36     1    19
  9.1515943703850644E-01 a       860     0    36     1    20
  5.5032471916377973E-02 a       861     0    36     1    21
  4.8670471242025942E-01 a       862     0    36     1    22
 -4.0575843630337338E-01 a       863     0    36     1    23
  2.3161170043306402E-02 a       864     0    36     1    24
  1.2469668495615479E-02 a       865     0    37     1     1
  3.0125062586095268E+00 a       866     0    37     1     2
 -1.1934107686486868E+00 a       867     0    37     1     3
  3.4501230665585063E+00 a       868     0    37     1     4
  2.7602731514938847E+00 a       869     0    37     1     5
  1.4436160816063466E+00 a       870     0    37     1     6
 -2.8217120160961762E+00 a       871     0    37     1     7
 -2.6176960095876272E+00 a       872     0    37     1     8
  9.3317447093823191E-01 a       873     0    37     1     9
  4.8551573091481757E+00 a       874     0    37     1    10
  1.3401189917410767E+00 a       875     0    37     1    11
  2.6583803231737853E+00 a       876     0    37     1    12
  1.8727777053185888E+00 a       877     0    37     1    13
  6.1868269463094927E-01 a       878     0    37     1    14
  6.5332333071775421E+00 a       879     0    37     1    15
  3.3400334960402212E-01 a       880     0    37     1    16
 -9.4986908396710010E+00 a       881     0    37     1    17
 -1.5537654932733538E+00 a       882     0    37     1    18
 -2.7411703808151158E+00 a       883     0    37     1    19
 -6.7253955454777070E-01 a       884     0    37     1    20
 -5.6273225742056416E+00 a       885     0    37     1    21
  3.5483431196512196E+00 a       886     0    37     1    22
  3.3636919642010175E+00 a       887     0    37     1    23
 -6.1063935402104033E+00 a       888     0    37     1    24
 -3.8253947035675434E-01 a       889     0    38     1     1
  4.5620515787919091E-01 a       890     0    38     1     2
 -1.3333897039880342E+00 a       891     0    38     1     3
  2.3012290471301135E-02 a       892     0    38     1     4
  6.0701302887976516E-01 a       893     0    38     1     5
 -1.5869039262397757E+00 a       894     0    38     1     6
  1.1942399296329078E+00 a       895     0    38     1     7
 -9.3931773308638500E-01 a       896     0    38     1     8
  1.2660700712960986E+00 a       897     0    38     1     9
  3.0151060060415452E-01 a       898     0    38     1    10
  2.0518423661940899E+00 a       899     0    38     1    11
  1.5675385668316841E-01 a       900     0    38     1    12
  3.3600623523056450E-01 a       901     0    38     1    13
 -1.5972653070796663E+00 a       902     0    38     1    14
 -1.7281672087625690E+00 a       903     0    38     1    15
 -5.8810458179395941E-01 a       904     0    38     1    16
 -1.8855111073100050E+00 a       905     0    38     1    17
  1.1576537166653003E+00 a       906     0    38     1    18
 -2.2435684810413852E+00 a       907     0    38     1    19
 -1.3634086936147658E+00 a       908     0    38     1    20
 -1.4311638289789776E+00 a       909     0    38     1    21
  4.8415259838322300E-01 a       910     0    38     1    22
  7.0002218582074005E-01 a       911     0    38     1    23
  7.1861049622183637E-01 a       912     0    38     1    24
  1.0148270884457595E+00 a       913     0    39     1     1
 -3.7745006474598490E+00 a       914     0    39     1     2
 -4.0197451855171114E+00 a       915     0    39     1     3
  1.2860892526643417E+00 a       916     0    39     1     4
  1.9499529466313164E+00 a       917     0    39     1     5
  1.6487972821012353E+00 a       918     0    39     1     6
 -3.9035918312952944E+00 a       919     0    39     1     7
 -1.6856215740594980E+00 a       920     0    39     1     8
 -2.8885360839465197E+00 a       921     0    39     1     9
 -7.3289594443657802E-01 a       922     0    39     1    10
 -8.6141080774539236E-01 a       923     0    39     1    11
  2.9831824382486234E+00 a       924     0    39     1    12
 -3.4062086547392454E+00 a       925     0    39     1    13
 -9.7569613616502853E+00 a       926     0    39     1    14
 -4.7524790017459306E+00 a       927     0    39     1    15
  3.6131114852646160E+00 a       928     0    39     1    16
 -4.2262990381568430E+00 a       929     0    39     1    17
  2.4063493073382333E-03 a       930     0    39     1    18
  9.6971652513744822E-01 a       931     0    39     1    19
 -1.8618608943593025E+00 a       932     0    39     1    20
 -5.1579773553529922E+00 a       933     0    39     1    21
 -3.1147378784266806E+00 a       934     0    39     1    22
 -8.3466750221591979E-01 a       935     0    39     1    23
 -1.0703646134809459E+00 a       936     0    39     1    24
 -2.6148874213057653E+00 a       937     0    40     1     1
  2.5948394257452700E+00 a       938     0    40     1     2
 -5.1846650457959242E+00 a       939     0    40     1     3
  1.6898714001489747E+00 a       940     0    40     1     4
  4.4751512983189762E-01 a       941     0    40     1     5
 -3.1449728399358734E+00 a       942     0    40     1     6
  4.2958320233360131E-01 a       943     0    40     1     7
 -5.1711842694392827E+00 a       944     0    40     1     8
  5.3819104300132823E+00 a       945     0    40     1     9
 -2.2348800744411532E+00 a       946     0    40     1    10
  4.5215573421007873E+00 a       947     0    40     1    11
  6.0787548327451008E-02 a       948     0    40     1    12
 -1.8641528717383675E+00 a       949     0    40     1    13
 -2.3956150902785622E+00 a       950     0    40     1    14
 -3.4126912744766047E+00 a       951     0    40     1    15
 -2.4248059415516945E+00 a       952     0    40     1    16
 -3.7476180276006463E+00 a       953     0    40     1    17
 -1.9386220109468858E-04 a       954     0    40     1    18
 -4.6491847843860894E+00 a       955     0    40     1    19
 -1.9330329196003657E+00 a       956     0    40     1    20
 -1.4548263493854552E+00 a       957     0    40     1    21
 -1.0908639156322020E+00 a       958     0    40     1    22
 -1.9173139531485994E-01 a       959     0    40     1    23
  3.2438746174246189E+00 a       960     0    40     1    24
  4.6993926828894828E-01 a       961     0    41     1     1
  1.0550073426546593E+00 a       962     0    41     1     2
 -3.1422685843942251E+00 a       963     0    41     1     3
 -1.9456313012330551E-01 a       964     0    41     1     4
 -1.4581668215934791E+00 a       965     0    41     1     5
 -2.7145976906371714E+00 a       966     0    41     1     6
  8.3920854329382510E-01 a       967     0    41     1     7
  3.8049892802432719E-02 a       968     0    41     1     8
 -5.4895723913893479E-01 a       969     0    41     1     9
  1.2091964534431068E+00 a       970     0    41     1    10
  2.6314823536814846E+00 a       971     0    41     1    11
  1.2899279912143258E+00 a       972     0    41     1    12
 -7.9900388460108074E-01 a       973     0    41     1    13
 -2.3918281946757894E-01 a       974     0    41     1    14
  8.3791019885246698E-01 a       975     0    41     1    15
 -2.8388126511554068E-01 a       976     0    41     1    16
 -2.0890416372649665E+00 a       977     0    41     1    17
  2.8095553160216915E+00 a       978     0    41     1    18
 -1.4798334091867158E+00 a       979     0    41     1    19
 -1.8196266096734635E+00 a       980     0    41     1    20
 -1.7950869385258670E+00 a       981     0    41     1    21
  4.4906798789594088E-01 a       982     0    41     1    22
 -2.1803423944152486E-01 a       983     0    41     1    23
  6.5754040149100412E-02 a       984     0    41     1    24
 -1.5228032537037752E+00 a       985     0    42     1     1
 -8.5023562442539653E+00 a       986     0    42     1     2
  1.1042028618931946E+01 a       987     0    42     1     3
 -4.8878532307823113E+00 a       988     0    42     1     4
 -5.9102797826406821E+00 a       989     0    42     1     5
 -5.4476963773131386E+00 a       990     0    42     1     6
  3.1705997353105859E+00 a       991     0    42     1     7
  3.5383920823451303E+00 a       992     0    42     1     8
 -8.5398892261168431E+00 a       993     0    42     1     9
 -4.9738626967811825E+00 a       994     0    42     1    10
  2.2912440615056040E-01 a       995     0    42     1    11
 -7.2197015741765265E+00 a       996     0    42     1    12
 -5.0236716170837097E+00 a       997     0    42     1    13
  6.2631862616487926E+00 a       998     0    42     1    14
 -9.0445406033121092E+00 a       999     0    42     1    15
 -2.8527571796413120E+00 a      1000     0    42     1    16
  8.0489305476113859E+00 a      1001     0    42     1    17
  3.5089932808842811E-01 a      1002     0    42     1    18
 -8.7892725514470849E-01 a      1003     0    42     1    19
 -6.9802309482335039E+00 a      1004     0    42     1    20
  5.5069310974178407E+00 a      1005     0    42     1    21
 -2.8307634042019814E+00 a      1006     0    42     1    22
  4.0245737006735061E+00 a      1007     0    42     1    23
  2.9717951668769094E+00 a      1008     0    42     1    24
 -2.2084795687606565E-01 a      1009     0    43     1     1
 -1.6067588450610613E+00 a      1010     0    43     1     2
  2.0229153286245847E+00 a      1011     0    43     1     3
  8.3492587659724982E-01 a      1012     0    43     1     4
 -3.2079433289192605E+00 a      1013     0    43     1     5
 -1.2575062114335180E+00 a      1014     0    43     1     6
  1.6883550853302287E+00 a      1015     0    43     1     7
  1.3445317949148921E+00 a      1016     0    43     1     8
 -1.2436362893638715E+00 a      1017     0    43     1     9
  1.3778756556411509E+00 a      1018     0    43     1    10
 -1.4449120944140694E+00 a      1019     0    43     1    11
 -2.2759732538752728E+00 a      1020     0    43     1    12
 -1.3914910551463462E+00 a      1021     0    43     1    13
  1.9572742449454232E+00 a      1022     0    43     1    14
  1.4175454306061855E-01 a      1023     0    43     1    15
  7.0523157949339688E-01 a      1024     0    43     1    16
  9.8207548527394287E-02 a      1025     0    43     1    17
  2.9535239354389414E-01 a      1026     0    43     1    18
  4.2943990515124231E+00 a      1027     0    43     1    19
  1.1718189365423697E-02 a      1028     0    43     1    20
 -1.6902273998361275E-01 a      1029     0    43     1    21
 -5.7710676500761438E-01 a      1030     0    43     1    22
  1.2599537608971025E+00 a      1031     0    43     1    23
 -2.2316857316171292E+00 a      1032     0    43     1    24
 -6.1631819747078165E+00 a      1033     0    44     1     1
  7.4189609902464149E+00 a      1034     0    44     1     2
  1.0229686164379084E+01 a      1035     0    44     1     3
 -3.1731820147597865E+00 a      1036     0    44     1     4
 -2.7626631692782682E+00 a      1037     0    44     1     5
  5.9747111088096165E+00 a      1038     0    44     1     6
  8.1502497846364594E+00 a      1039     0    44     1     7
  5.9244292769372846E+00 a      1040     0    44     1     8
  5.5294814857511314E+00 a      1041     0    44     1     9
  2.7317482191531366E+00 a      1042     0    44     1    10
 -1.1542628549839580E+00 a      1043     0    44     1    11
 -2.0565545407987224E-01 a      1044     0    44     1    12
  2.5308062151707964E+00 a      1045     0    44     1    13
  1.6408275232179282E+01 a      1046     0    44     1    14
  9.3961199725812445E+00 a      1047     0    44     1    15
 -7.7194382404897182E+00 a      1048     0    44     1    16
  1.1091411468306094E+00 a      1049     0    44     1    17
  1.8002553563704289E+00 a      1050     0    44     1    18
 -2.0381630324818594E+00 a      1051     0    44     1    19
 -6.6637932532148325E-01 a      1052     0    44     1    20
  6.7276017393748813E+00 a      1053     0    44     1    21
  5.0815909455158916E+00 a      1054     0    44     1    22
  9.8758757667490062E+00 a      1055     0    44     1    23
 -7.8130396858990636E+00 a      1056     0    44     1    24
  9.9703887444515346E-02 a      1057     0    45     1     1
 -3.0745614319609080E+00 a      1058     0    45     1     2
  2.7379581178028012E+00 a      1059     0    45     1     3
 -1.5406342897162155E+00 a      1060     0    45     1     4
  1.6614689752200962E-01 a      1061     0    45     1     5
  2.3183673341749267E+00 a      1062     0    45     1     6
 -2.3297891075569765E-01 a      1063     0    45     1     7
  5.1355321373580702E+00 a      1064     0    45     1     8
 -3.3839723034425915E+00 a      1065     0    45     1     9
  2.4717495671723042E+00 a      1066     0    45     1    10
 -3.6457191817234667E+00 a      1067     0    45     1    11
 -8.4348768865890955E-01 a      1068     0    45     1    12
 -4.1168699807991482E-01 a      1069     0    45     1    13
  3.6815933006271808E+00 a      1070     0    45     1    14
  2.3512427395367479E+00 a      1071     0    45     1    15
  2.1686394764834147E+00 a      1072     0    45     1    16
  3.6755102391671350E+00 a      1073     0    45     1    17
 -2.0549415161670859E+00 a      1074     0    45     1    18
  7.7296406720998982E+00 a      1075     0    45     1    19
  3.4384388013957206E+00 a      1076     0    45     1    20
  1.2090013142446043E+00 a      1077     0    45     1    21
  2.2923225051268985E+00 a      1078     0    45     1    22
  3.8201970806154941E+00 a      1079     0    45     1    23
 -2.9499404191030942E+00 a      1080     0    45     1    24
 -2.0763914954998843E+00 a      1081     0    46     1     1
 -1.7379096905108240E+00 a      1082     0    46     1     2
  3.8262901751986300E+00 a      1083     0    46     1     3
  2.0366140181948381E-01 a      1084     0    46     1     4
  1.6225628281682842E+00 a      1085     0    46     1     5
  5.7131684541345882E+00 a      1086     0    46     1     6
 -2.4532888986843084E+00 a      1087     0    46     1     7
 -1.6873048618607684E+00 a      1088     0    46     1     8
  3.9284753477720074E+00 a      1089     0    46     1     9
 -4.0300360428232755E+00 a      1090     0    46     1    10
 -6.0583561754918449E+00 a      1091     0    46     1    11
 -3.9581140070133798E+00 a      1092     0    46     1    12
 -5.7654164066460900E-01 a      1093     0    46     1    13
 -2.4744902236784583E+00 a      1094     0    46     1    14
 -1.2366151222190913E+00 a      1095     0    46     1    15
  5.8158838252619260E-01 a      1096     0    46     1    16
  5.0321893366172823E+00 a      1097     0    46     1    17
 -6.0560543804558797E+00 a      1098     0    46     1    18
  4.3431068912524013E+00 a      1099     0    46     1    19
  5.2210901485994121E+00 a      1100     0    46     1    20
  8.1399112705233123E-01 a      1101     0    46     1    21
 -4.3882254538162219E-02 a      1102     0    46     1    22
 -2.4512567129006171E-01 a      1103     0    46     1    23
 -9.9684560569241032E-01 a      1104     0    46     1    24
  1.0955818860812370E+00 a      1105     0    47     1     1
  4.8120248576337445E+00 a      1106     0    47     1     2
  9.6110572555906937E-01 a      1107     0    47     1     3
  1.0499262344039462E-01 a      1108     0    47     1     4
  4.1840329973987096E+00 a      1109     0    47     1     5
  3.6865374483137709E+00 a      1110     0    47     1     6
  8.2687099779076565E+00 a      1111     0    47     1     7
  1.6247059816275846E+00 a      1112     0    47     1     8
  5.5054565468627317E+00 a      1113     0    47     1     9
  5.4959397887143959E+00 a      1114     0    47     1    10
 -1.8039690129264145E+00 a      1115     0    47     1    11
  1.9654386069105090E+00 a      1116     0    47     1    12
  1.0280228098591957E+01 a      1117     0    47     1    13
 -7.2784319757598883E+00 a      1118     0    47     1    14
  4.6505761242885191E+00 a      1119     0    47     1    15
 -2.0954174056922397E+00 a      1120     0    47     1    16
 -4.9062067692715647E+00 a      1121     0    47     1    17
  4.1720303172253781E-01 a      1122     0    47     1    18
 -8.3337051550634698E+00 a      1123     0    47     1    19
 -2.9224191286580767E+00 a      1124     0    47     1    20
  3.8734980646715247E+00 a      1125     0    47     1    21
  5.9445682233547155E+00 a      1126     0    47     1    22
  5.2081745456437218E+00 a      1127     0    47     1    23
  2.8420693192606290E+00 a      1128     0    47     1    24
 -2.1625036762223169E+00 a      1129     0    48     1     1
  7.2864999513725714E-01 a      1130     0    48     1     2
 -1.0469659394291893E+00 a      1131     0    48     1     3
 -6.5716623792790321E+00 a      1132     0    48     1     4
 -1.2841890394003903E+00 a      1133     0    48     1     5
 -1.5515002406170984E-02 a      1134     0    48     1     6
  8.6775580608986436E-01 a      1135     0    48     1     7
 -2.5728204437811368E+00 a      1136     0    48     1     8
 -3.8374779965595516E+00 a      1137     0    48     1     9
  2.0420298319139816E+00 a      1138     0    48     1    10
  5.1047694429480659E+00 a      1139     0    48     1    11
 -2.8677040131914024E+00 a      1140     0    48     1    12
  4.3567532678223291E+00 a      1141     0    48     1    13
 -8.2489188107142422E+00 a      1142     0    48     1    14
 -7.0824272837003321E-01 a      1143     0    48     1    15
  4.3631341744721768E+00 a      1144     0    48     1    16
 -8.9952236853978407E-01 a      1145     0    48     1    17
  1.4392336336235838E+00 a      1146     0    48     1    18
 -1.2492085473809556E-02 a      1147     0    48     1    19
 -5.1205057813814758E-01 a      1148     0    48     1    20
 -4.0093517142441986E+00 a      1149     0    48     1    21
 -1.6134646858606154E+00 a      1150     0    48     1    22
  2.6682057945957754E-01 a      1151     0    48     1    23
 -4.3315455637758147E+00 a      1152     0    48     1    24
 -4.6481898745896338E-01 a      1153     0    49     1     1
  1.7573403958958569E-01 a      1154     0    49     1     2
 -1.8933023030337271E-02 a      1155     0    49     1     3
 -4.3243957621196516E-01 a      1156     0    49     1     4
 -2.9731568091253091E-01 a      1157     0    49     1     5
 -5.3704198194286101E-01 a      1158     0    49     1     6
  1.4500533210376441E+00 a      1159     0    49     1     7
  1.2176084082460941E+00 a      1160     0    49     1     8
  3.7314916132001369E-01 a      1161     0    49     1     9
 -1.7917094591375724E+00 a      1162     0    49     1    10
  2.3986523185667963E-01 a      1163     0    49     1    11
 -2.5481886985893087E-01 a      1164     0    49     1    12
  1.0655377899004135E+00 a      1165     0    49     1    13
  5.9690772780228951E-01 a      1166     0    49     1    14
 -2.0398806740983049E+00 a      1167     0    49     1    15
 -1.1990324559895729E+00 a      1168     0    49     1    16
  2.1896668319434118E+00 a      1169     0    49     1    17
 -9.2834850221168930E-01 a      1170     0    49     1    18
 -8.8757433207091696E-01 a      1171     0    49     1    19
 -6.0101471830607145E-01 a      1172     0    49     1    20
  1.9474598245234684E+00 a      1173     0    49     1    21
 -7.8079179773214391E-01 a      1174     0    49     1    22
  1.9188113578261815E-01 a      1175     0    49     1    23
  9.9886083907841750E-01 a      1176     0    49     1    24
 -2.2762657475212225E-01 a      1177     0    50     1     1
  4.5377790308521321E-01 a      1178     0    50     1     2
 -3.3952101803668505E-01 a      1179     0    50     1     3
  3.5728637877584524E-01 a      1180     0    50     1     4
  5.3672671468718580E-01 a      1181     0    50     1     5
  3.4560085197694840E-01 a      1182     0    50     1     6
  2.6840319625020514E-01 a      1183     0    50     1     7
 -3.2006266722431155E-02 a      1184     0    50     1     8
  4.6315720046251641E-01 a      1185     0    50     1     9
 -7.8335788935415174E-01 a      1186     0    50     1    10
  4.6736647195073605E-01 a      1187     0    50     1    11
  3.7722795455081437E-01 a      1188     0    50     1    12
  4.1964845584073029E-01 a      1189     0    50     1    13
 -4.3589181195681581E-01 a      1190     0    50     1    14
 -1.9431269368429804E-01 a      1191     0    50     1    15
 -3.4619618036458816E-01 a      1192     0    50     1    16
  2.0592753983347559E-01 a      1193     0    50     1    17
 -1.5559582249876155E-01 a      1194     0    50     1    18
 -9.7339239256698640E-01 a      1195     0    50     1    19
 -3.5938787861247251E-01 a      1196     0    50     1    20
  2.8787094923117690E-01 a      1197     0    50     1    21
 -9.6472906759130880E-02 a      1198     0    50     1    22
 -1.2758519092655110E-01 a      1199     0    50     1    23
 -6.5220969864403067E-02 a      1200     0    50     1    24
 -1.9754861198444865E-01 a      1201     0    51     1     1
  4.8190553019616067E-01 a      1202     0    51     1     2
 -4.0190448269440106E-02 a      1203     0    51     1     3
 -3.5175404043092512E-01 a      1204     0    51     1     4
 -8.0388177459984195E-02 a      1205     0    51     1     5
  1.2118940901115742E-01 a      1206     0    51     1     6
  1.7240755121208271E+00 a      1207     0    51     1     7
  6.3802808246338982E-01 a      1208     0    51     1     8
  2.3212265259447068E-01 a      1209     0    51     1     9
  1.3211318699113133E-02 a      1210     0    51     1    10
  3.2083272271536617E-01 a      1211     0    51     1    11
 -9.9794685371362324E-02 a      1212     0    51     1    12
  6.2183769788787191E-01 a      1213     0    51     1    13
  8.9640091906783059E-01 a      1214     0    51     1    14
 -2.1962787643096779E-01 a      1215     0    51     1    15
 -6.8676693097376040E-01 a      1216     0    51     1    16
  8.6175912839918445E-01 a      1217     0    51     1    17
  2.8252635226595235E-01 a      1218     0    51     1    18
 -6.6587468896502189E-01 a      1219     0    51     1    19
  4.0862749897615687E-02 a      1220     0    51     1    20
  7.7844636005400381E-01 a      1221     0    51     1    21
  9.4057684243124817E-01 a      1222     0    51     1    22
  7.5508118735396157E-01 a      1223     0    51     1    23
  6.8657227082126038E-01 a      1224     0    51     1    24
  3.2703648108138723E+00 a      1225     0    52     1     1
 -1.2933675068591448E+00 a      1226     0    52     1     2
  1.3511438742032114E+00 a      1227     0    52     1     3
  1.9014035640306315E+00 a      1228     0    52     1     4
 -8.3055580638982485E-01 a      1229     0    52     1     5
  4.2353215955031598E-01 a      1230     0    52     1     6
  1.0866932442534318E+00 a      1231     0    52     1     7
  1.8889738158453520E+00 a      1232     0    52     1     8
 -4.8284830991490030E-01 a      1233     0    52     1     9
  8.7273172733089488E-01 a      1234     0    52     1    10
 -2.9572275794661249E+00 a      1235     0    52     1    11
  1.3037519143859344E+00 a      1236     0    52     1    12
 -1.7062282194311680E+00 a      1237     0    52     1    13
  8.9978852641212759E-01 a      1238     0    52     1    14
  2.0757689862034656E+00 a      1239     0    52     1    15
 -7.6222455497096819E-01 a      1240     0    52     1    16
 -1.6315598959016873E+00 a      1241     0    52     1    17
  1.2704208519313893E+00 a      1242     0    52     1    18
  1.4204380495944680E+00 a      1243     0    52     1    19
 -6.1389349838653651E-01 a      1244     0    52     1    20
  2.2813040797070086E-01 a      1245     0    52     1    21
  2.4155495625119690E+00 a      1246     0    52     1    22
 -7.6150770967835424E-01 a      1247     0    52     1    23
  2.5977736950945207E+00 a      1248     0    52     1    24
  2.5109575967936099E-01 a      1249     0    53     1     1
  3.7691164708261575E+00 a      1250     0    53     1     2
 -3.5903444577143357E+00 a      1251     0    53     1     3
  1.8385002572890199E+00 a      1252     0    53     1     4
  3.8290113063948267E-01 a      1253     0    53     1     5
  3.9193461093629924E+00 a      1254     0    53     1     6
 -2.6901743650571990E+00 a      1255     0    53     1     7
 -4.9269708304613846E-01 a      1256     0    53     1     8
  2.3994872620165806E+00 a      1257     0    53     1     9
  1.7374824332401400E+00 a      1258     0    53     1    10
  1.8258955996510079E-01 a      1259     0    53     1    11
  1.4528667589159252E+00 a      1260     0    53     1    12
  1.9088633636967383E+00 a      1261     0    53     1    13
 -9.3736517590099289E-01 a      1262     0    53     1    14
  2.1994754740179645E+00 a      1263     0    53     1    15
  5.1021184212561366E+00 a      1264     0    53     1    16
 -5.2576116108489612E-01 a      1265     0    53     1    17
 -5.7058334306297046E-02 a      1266     0    53     1    18
  3.2961301713078601E+00 a      1267     0    53     1    19
  4.8332175523803960E+00 a      1268     0    53     1    20
 -3.6710550361042849E+00 a      1269     0    53     1    21
 -4.3115977948291900E-01 a      1270     0    53     1    22
 -5.0124268272651995E-01 a      1271     0    53     1    23
 -2.9912704353696444E+00 a      1272     0    53     1    24
  1.9437452546074085E+00 a      1273     0    54     1     1
 -4.6427982819383145E+00 a      1274     0    54     1     2
 -2.7205848728123301E+00 a      1275     0    54     1     3
  1.9921163284417502E+00 a      1276     0    54     1     4
 -2.2688611929271851E+00 a      1277     0    54     1     5
 -4.6846335453872161E+00 a      1278     0    54     1     6
 -2.8732008236724482E+00 a      1279     0    54     1     7
 -8.5736813699509118E-01 a      1280     0    54     1     8
 -3.4128989676709143E+00 a      1281     0    54     1     9
  1.4727488176599743E-01 a      1282     0    54     1    10
  3.8810237274890008E-01 a      1283     0    54     1    11
 -7.2341877522708675E-01 a      1284     0    54     1    12
 -3.1548186654725789E+00 a      1285     0    54     1    13
 -2.1050379610903520E+00 a      1286     0    54     1    14
 -4.5029769632806058E+00 a      1287     0    54     1    15
  2.8662763540587055E+00 a      1288     0    54     1    16
 -4.4501914057134178E+00 a      1289     0    54     1    17
  1.5885803742279552E+00 a      1290     0    54     1    18
  3.6162342997366903E-01 a      1291     0    54     1    19
 -3.5914396412406124E+00 a      1292     0    54     1    20
 -1.9884641311917073E+00 a      1293     0    54     1    21
 -4.7798931491762220E+00 a      1294     0    54     1    22
 -9.1312039304961656E-01 a      1295     0    54     1    23
  2.0439008493247459E+00 a      1296     0    54     1    24
 -1.5733655730502016E+00 a      1297     0    55     1     1
 -3.1382676905777251E+00 a      1298     0    55     1     2
  2.4749622891214261E-02 a      1299     0    55     1     3
  3.5231755894445991E+00 a      1300     0    55     1     4
 -6.0638829713251963E-01 a      1301     0    55     1     5
 -1.6201216165580887E+00 a      1302     0    55     1     6
  3.3267049853614128E+00 a      1303     0    55     1     7
  5.9295239469764152E+00 a      1304     0    55     1     8
 -4.2096897644530040E+00 a      1305     0    55     1     9
  1.6061154555428241E+00 a      1306     0    55     1    10
  3.3907641209683872E+00 a      1307     0    55     1    11
 -6.1811103447085924E-01 a      1308     0    55     1    12
 -2.5677105242305154E+00 a      1309     0    55     1    13
  9.5814553827097004E+00 a      1310     0    55     1    14
  1.2855838556625956E+00 a      1311     0    55     1    15
 -3.9046638425597413E+00 a      1312     0    55     1    16
 -1.9201995933559715E+00 a      1313     0    55     1    17
  7.6326188669716091E-02 a      1314     0    55     1    18
 -6.1678535137989421E+00 a      1315     0    55     1    19
 -6.3784622561744273E+00 a      1316     0    55     1    20
  8.1844942190093750E+00 a      1317     0    55     1    21
  1.7022928884976918E+00 a      1318     0    55     1    22
  5.0327443021410510E+00 a      1319     0    55     1    23
  7.7217627328623906E-01 a      1320     0    55     1    24
 -3.7770520245879853E+00 a      1321     0    56     1     1
 -5.0226514922188237E-01 a      1322     0    56     1     2
 -1.6224479949267432E+00 a      1323     0    56     1     3
  1.0340791357519037E+00 a      1324     0    56     1     4
 -2.7040400541810437E+00 a      1325     0    56     1     5
 -4.3170446796898547E+00 a      1326     0    56     1     6
 -2.6515356256757392E+00 a      1327     0    56     1     7
  1.0284391070100245E+00 a      1328     0    56     1     8
  7.4313185692763728E-01 a      1329     0    56     1     9
 -1.7315165368799061E+00 a      1330     0    56     1    10
  3.5096350652370574E+00 a      1331     0    56     1    11
 -1.8740605670006301E+00 a      1332     0    56     1    12
 -4.4168844561182166E+00 a      1333     0    56     1    13
  9.8955236595999345E+00 a      1334     0    56     1    14
 -6.5417934718697497E+00 a      1335     0    56     1    15
  2.0734366693056469E-01 a      1336     0    56     1    16
  4.5088538024909885E+00 a      1337     0    56     1    17
  1.1944290260273021E+00 a      1338     0    56     1    18
 -9.5508231846066582E-01 a      1339     0    56     1    19
 -1.3827847851368384E+00 a      1340     0    56     1    20
  4.1258637634892159E-01 a      1341     0    56     1    21
 -7.4789156272060637E+00 a      1342     0    56     1    22
 -4.0767598305309322E-01 a      1343     0    56     1    23
 -2.5988864310023612E+00 a      1344     0    56     1    24
 -1.4646105939327281E-01 a      1345     0    57     1     1
 -1.3929349783617755E-02 a      1346     0    57     1     2
 -2.9573364810169460E+00 a      1347     0    57     1     3
 -2.5840060721267535E+00 a      1348     0    57     1     4
 -2.4297147486576837E-01 a      1349     0    57     1     5
  9.0918783423248051E-01 a      1350     0    57     1     6
  7.9985870298682726E-01 a      1351     0    57     1     7
  1.2511061032156936E+00 a      1352     0    57     1     8
  1.5441130335647852E+00 a      1353     0    57     1     9
 -1.7278296746386659E+00 a      1354     0    57     1    10
 -6.3711332889173786E-02 a      1355     0    57     1    11
  1.0618388051440639E+00 a      1356     0    57     1    12
  4.7464320264678556E-01 a      1357     0    57     1    13
 -4.0010108580060635E+00 a      1358     0    57     1    14
 -4.8995767482510635E+00 a      1359     0    57     1    15
  3.6619057438360518E+00 a      1360     0    57     1    16
  3.7287730843682083E+00 a      1361     0    57     1    17
  2.2646948610337851E+00 a      1362     0    57     1    18
  5.2562137249869574E+00 a      1363     0    57     1    19
  4.1508039062085356E+00 a      1364     0    57     1    20
 -1.7748873630431534E+00 a      1365     0    57     1    21
 -3.6900988375368478E+00 a      1366     0    57     1    22
 -1.8496815299877367E+00 a      1367     0    57     1    23
  5.7734592584754285E-01 a      1368     0    57     1    24
  2.9464586663024361E-01 a      1369     0    58     1     1
  1.6940070374877674E+00 a      1370     0    58     1     2
 -1.0000020865607189E+00 a      1371     0    58     1     3
 -2.2642292054719762E-01 a      1372     0    58     1     4
 -2.6902937032849690E+00 a      1373     0    58     1     5
 -6.2508934559800924E+00 a      1374     0    58     1     6
  1.4290379808693228E+00 a      1375     0    58     1     7
  1.1802553269547875E+00 a      1376     0    58     1     8
  1.0293589693362784E+00 a      1377     0    58     1     9
  1.4824145523825143E+00 a      1378     0    58     1    10
  3.0256347298845609E+00 a      1379     0    58     1    11
 -2.2156518012328181E+00 a      1380     0    58     1    12
  1.9077405792353399E+00 a      1381     0    58     1    13
  5.9954076891153392E+00 a      1382     0    58     1    14
  3.1450505561834601E+00 a      1383     0    58     1    15
 -1.3858161435115346E+00 a      1384     0    58     1    16
  8.4086188594991518E-01 a      1385     0    58     1    17
  2.0510733520239914E+00 a      1386     0    58     1    18
  1.0456720573709977E+00 a      1387     0    58     1    19
  5.2955343998568360E-01 a      1388     0    58     1    20
  9.5611614469624562E-01 a      1389     0    58     1    21
  6.2218093289710985E-01 a      1390     0    58     1    22
 -7.6606440568012191E-02 a      1391     0    58     1    23
  3.4327381194404294E-01 a      1392     0    58     1    24
 -3.1628948535699393E+00 a      1393     0    59     1     1
  5.2806080903230657E-01 a      1394     0    59     1     2
 -4.8026862118403137E+00 a      1395     0    59     1     3
  5.7642721166633013E+00 a      1396     0    59     1     4
  2.6672677986420674E+00 a      1397     0    59     1     5
 -6.8147123740026938E+00 a      1398     0    59     1     6
 -3.5985323942333891E+00 a      1399     0    59     1     7
  1.4465305270900319E+00 a      1400     0    59     1     8
  4.3390577888512203E+00 a      1401     0    59     1     9
 -3.0647387287708110E+00 a      1402     0    59     1    10
  6.1888094299524832E-01 a      1403     0    59     1    11
  1.4430078023771626E+00 a      1404     0    59     1    12
 -5.3275825248211293E+00 a      1405     0    59     1    13
  1.0508643821570301E+01 a      1406     0    59     1    14
 -4.3636109580617308E+00 a      1407     0    59     1    15
 -2.7415072893088062E+00 a      1408     0    59     1    16
  5.2244245936627687E+00 a      1409     0    59     1    17
 -1.7675575200727425E-01 a      1410     0    59     1    18
  2.3790212103133362E-01 a      1411     0    59     1    19
  1.0991043353800001E+00 a      1412     0    59     1    20
  1.9845583814711347E+00 a      1413     0    59     1    21
 -3.6271321872766866E+00 a      1414     0    59     1    22
 -1.4681474542598636E+00 a      1415     0    59     1    23
 -1.0908544775481046E+00 a      1416     0    59     1    24
  6.6438145620592537E-01 a      1417     0    60     1     1
  2.1619676129197027E+00 a      1418     0    60     1     2
 -2.5834463418115861E+00 a      1419     0    60     1     3
  2.3470145339220507E+00 a      1420     0    60     1     4
  2.6127397710883113E+00 a      1421     0    60     1     5
 -6.9603407291390085E-01 a      1422     0    60     1     6
  7.3139585210152191E-01 a      1423     0    60     1     7
 -2.0834453137580935E+00 a      1424     0    60     1     8
  2.8283360676691860E+00 a      1425     0    60     1     9
  3.4043272467551128E-01 a      1426     0    60     1    10
 -1.1095869810357240E+00 a      1427     0    60     1    11
  1.6116427905980863E+00 a      1428     0    60     1    12
  1.0479257487421803E+00 a      1429     0    60     1    13
 -1.4756891457166517E+00 a      1430     0    60     1    14
  5.0279987106127653E+00 a      1431     0    60     1    15
 -5.2157135457363388E+00 a      1432     0    60     1    16
 -2.3010156581827914E+00 a      1433     0    60     1    17
 -1.0367558148998046E+00 a      1434     0    60     1    18
 -2.7916347599878941E+00 a      1435     0    60     1    19
 -8.7443166388623050E-01 a      1436     0    60     1    20
  3.2206201483915571E+00 a      1437     0    60     1    21
  3.5049076360176485E+00 a      1438     0    60     1    22
 -3.6464964670909983E+00 a      1439     0    60     1    23
  2.6383491291686840E+00 a      1440     0    60     1    24
  1.3943859968364333E-01 a      1441     0    61     1     1
  1.5935846542229739E+00 a      1442     0    61     1     2
 -9.6354228589881885E-01 a      1443     0    61     1     3
 -8.7480425174034404E-01 a      1444     0    61     1     4
  2.4254760996384963E+00 a      1445     0    61     1     5
  1.9361437936496637E+00 a      1446     0    61     1     6
 -2.3402161923327296E+00 a      1447     0    61     1     7
 -7.2633278079788322E-01 a      1448     0    61     1     8
  1.9884287525053565E-01 a      1449     0    61     1     9
 -2.1152707356965554E+00 a      1450     0    61     1    10
  5.2016476520760557E-01 a      1451     0    61     1    11
  2.1026653454214106E+00 a      1452     0    61     1    12
  1.5526700162014255E+00 a      1453     0    61     1    13
 -8.3356651185926545E-01 a      1454     0    61     1    14
  6.9105932866394038E-01 a      1455     0    61     1    15
 -7.0512480614230966E-01 a      1456     0    61     1    16
  1.1525482272064547E+00 a      1457     0    61     1    17
 -8.6495716376381815E-01 a      1458     0    61     1    18
 -2.3476022994230847E+00 a      1459     0    61     1    19
  1.3397895801618054E-01 a      1460     0    61     1    20
  9.6532767455821222E-01 a      1461     0    61     1    21
 -9.8308065202439440E-02 a      1462     0    61     1    22
 -1.0598060761953394E+00 a      1463     0    61     1    23
  1.5724559819965878E+00 a      1464     0    61     1    24
  4.0573343452749926E+00 a      1465     0    62     1     1
 -2.5959199648048359E+00 a      1466     0    62     1     2
 -2.4921480629955584E+00 a      1467     0    62     1     3
 -1.8975005238972067E-01 a      1468     0    62     1     4
  5.6310802915400338E+00 a      1469     0    62     1     5
  1.6719730159064880E-01 a      1470     0    62     1     6
 -5.6071305440885633E+00 a      1471     0    62     1     7
 -3.6333401259649345E+00 a      1472     0    62     1     8
 -2.2229525707168709E+00 a      1473     0    62     1     9
 -2.6657825136920881E+00 a      1474     0    62     1    10
 -1.6418148536826231E+00 a      1475     0    62     1    11
  4.7995731531306413E-01 a      1476     0    62     1    12
  2.0128805258802307E-01 a      1477     0    62     1    13
 -1.1046604731567701E+01 a      1478     0    62     1    14
 -5.8180478380466791E+00 a      1479     0    62     1    15
  4.7252563945804216E+00 a      1480     0    62     1    16
  7.1271715628557626E+00 a      1481     0    62     1    17
 -5.2423597067147485E+00 a      1482     0    62     1    18
  2.0667820962459067E+00 a      1483     0    62     1    19
  5.0175530409512152E+00 a      1484     0    62     1    20
 -2.8263482226848371E+00 a      1485     0    62     1    21
  2.0035122250563879E+00 a      1486     0    62     1    22
 -5.7674643591615977E+00 a      1487     0    62     1    23
  7.0348588380710009E+00 a      1488     0    62     1    24
  5.2796906446046377E+00 a      1489     0    63     1     1
 -6.6161463597746692E+00 a      1490     0    63     1     2
  5.0762190622036725E+00 a      1491     0    63     1     3
 -4.2454043219992936E+00 a      1492     0    63     1     4
 -5.0427196057763179E+00 a      1493     0    63     1     5
  5.0949392165180010E+00 a      1494     0    63     1     6
 -5.1929340056851787E+00 a      1495     0    63     1     7
 -6.8232780113360203E-01 a      1496     0    63     1     8
 -9.0993992739729102E+00 a      1497     0    63     1     9
 -1.8146557779424448E+00 a      1498     0    63     1    10
 -6.1878850675374624E+00 a      1499     0    63     1    11
 -1.0598761562398076E+00 a      1500     0    63     1    12
 -5.8580558648038474E+00 a      1501     0    63     1    13
 -5.2214180715602287E+00 a      1502     0    63     1    14
  2.9327375390456987E+00 a      1503     0    63     1    15
  3.9631727387899707E+00 a      1504     0    63     1    16
 -1.8402990587944572E+00 a      1505     0    63     1    17
 -3.2820983515128690E+00 a      1506     0    63     1    18
  1.0070477880067944E+01 a      1507     0    63     1    19
  3.0719763744283499E+00 a      1508     0    63     1    20
 -4.9996569983472137E+00 a      1509     0    63     1    21
  3.5309798789409221E+00 a      1510     0    63     1    22
 -1.3190428875647033E+00 a      1511     0    63     1    23
  2.1929290743825169E+00 a      1512     0    63     1    24
  3.1493930801625649E+00 a      1513     0    64     1     1
  2.1506347620356889E+00 a      1514     0    64     1     2
 -1.1882046769132095E+00 a      1515     0    64     1     3
 -4.6339174116942550E+00 a      1516     0    64     1     4
 -1.5118143385764358E+00 a      1517     0    64     1     5
 -8.0394935541064694E-01 a      1518     0    64     1     6
 -1.2158194931001316E+00 a      1519     0    64     1     7
 -2.3844179571854864E+00 a      1520     0    64     1     8
  1.0394621861441812E-01 a      1521     0    64     1     9
  1.9139750481113951E+00 a      1522     0    64     1    10
 -1.9115030805695130E+00 a      1523     0    64     1    11
  3.4942043048164027E+00 a      1524     0    64     1    12
  2.0809571209143058E+00 a      1525     0    64     1    13
 -4.2991301949796368E+00 a      1526     0    64     1    14
 -1.0623686295577708E+00 a      1527     0    64     1    15
  3.4966595613207510E+00 a      1528     0    64     1    16
 -1.9250045741482902E+00 a      1529     0    64     1    17
  2.2300561172942635E+00 a      1530     0    64     1    18
  4.7176420873530542E+00 a      1531     0    64     1    19
  3.2566147669799994E+00 a      1532     0    64     1    20
 -8.1580174433985047E+00 a      1533     0    64     1    21
 -1.7431779633230222E+00 a      1534     0    64     1    22
 -2.2289429202692999E+00 a      1535     0    64     1    23
 -7.1252830666396416E-01 a      1536     0    64     1    24
  7.6281141635569771E-01 b      1537     1     1
  2.2304457330163649E-01 b      1538     1     2
  3.4053921902763629E-01 b      1539     1     3
  2.8915672965810230E-01 b      1540     1     4
  4.2757783735189514E-01 b      1541     1     5
  2.6459499428818101E-01 b      1542     1     6
  4.7585991880446987E-02 b      1543     1     7
 -5.6880211503212617E-02 b      1544     1     8
  4.7557719084483530E-01 b      1545     1     9
  4.3344570335595783E-01 b      1546     1    10
  4.6764605527035397E-01 b      1547     1    11
  4.6485570312762581E-01 b      1548     1    12
  1.6992550351010643E-01 b      1549     1    13
 -3.7061253611041407E-02 b      1550     1    14
  3.0356190003390254E-01 b      1551     1    15
  4.1639903546898671E-01 b      1552     1    16
  1.2662061879804620E-01 b      1553     1    17
  5.8468538973782742E-02 b      1554     1    18
  8.8788023445224601E-02 b      1555     1    19
  2.4862115846675553E-01 b      1556     1    20
  2.8165566462579606E-02 b      1557     1    21
  2.9171864774238310E-01 b      1558     1    22
  2.1263367555755902E-01 b      1559     1    23
  2.5695692239640128E-01 b      1560     1    24
  3.4099799906310655E+00 a      1561     1     1     2     1
 -3.2152764621400348E-01 a      1562     1     1     2     2
 -9.7751541013123633E-01 a      1563     1     1     2     3
 -2.0067581340336976E-01 a      1564     1     1     2     4
 -6.5316078004630052E-01 a      1565     1     1     2     5
 -3.0269817364592738E-01 a      1566     1     1     2     6
  3.2297976729110689E-01 a      1567     1     1     2     7
 -2.8807004400762948E-01 a      1568     1     1     2     8
 -1.8518016438618061E+00 a      1569     1     1     2     9
  7.4843111573463539E-01 a      1570     1     1     2    10
  1.7462026361855132E-01 a      1571     1     1     2    11
 -9.2939901450959284E-01 a      1572     1     1     2    12
 -2.2112298472821168E+00 a      1573     1     1     2    13
 -1.3998850136146097E+00 a      1574     1     1     2    14
  1.0287379904850580E-01 a      1575     1     1     2    15
  5.5067847383713087E-01 a      1576     1     1     2    16
 -2.2121854999520657E-01 a      1577     1     1     2    17
  1.1128302396413823E+00 a      1578     1     1     2    18
 -1.4458152961702815E+00 a      1579     1     1     2    19
 -8.2827770586896909E-01 a      1580     1     1     2    20
 -3.6948126013230714E-01 a      1581     1     1     2    21
  6.3452523206963907E-01 a      1582     1     1     2    22
 -5.4359160340779610E-02 a      1583     1     1     2    23
  5.6215555447120791E-01 a      1584     1     1     2    24
  1.1816335919058834E+00 a      1585     1     2     2     1
 -1.1096618117551214E+00 a      1586     1     2     2     2
 -5.2997877306736429E-01 a      1587     1     2     2     3
  7.6457927091111155E-01 a      1588     1     2     2     4
 -3.6311097277363008E-01 a      1589     1     2     2     5
 -3.0943140444093614E-01 a      1590     1     2     2     6
  6.7340498907341784E-01 a      1591     1     2     2     7
 -4.3602835590385297E-01 a      1592     1     2     2     8
  5.8658400911287475E-02 a      1593     1     2     2     9
  3.3753961247582680E+00 a      1594     1     2     2    10
  1.2024995169865746E-01 a      1595     1     2     2    11
 -2.9154459934810522E+00 a      1596     1     2     2    12
 -6.3122134460062285E-01 a      1597     1     2     2    13
 -1.9351586611176419E-01 a      1598     1     2     2    14
 -7.1772556859339831E-01 a      1599     1     2     2    15
  4.9180566685272270E-01 a      1600     1     2     2    16
 -2.9745976001405566E-01 a      1601     1     2     2    17
 -5.8668178857432218E-01 a      1602     1     2     2    18
 -2.3937064452556897E-01 a      1603     1     2     2    19
 -1.5297944382172279E+00 a      1604     1     2     2    20
 -1.0913255379451137E+00 a      1605     1     2     2    21
  5.6374381509435356E-01 a      1606     1     2     2    22
 -1.2043169409935234E-01 a      1607     1     2     2    23
 -5.0515642545802952E-01 a      1608     1     2     2    24
 -1.0881832076752356E+00 a      1609     1     3     2     1
 -1.5948937136769784E-01 a      1610     1     3     2     2
 -5.1554583532740596E-02 a      1611     1     3     2     3
  1.4082875858373949E+00 a      1612     1     3     2     4
  1.5923974258755824E-01 a      1613     1     3     2     5
 -1.0252107265708990E-01 a      1614     1     3     2     6
 -2.1244193991262614E-01 a      1615     1     3     2     7
 -2.9135997836930588E-01 a      1616     1     3     2     8
  1.3087435124508848E+00 a      1617     1     3     2     9
  6.6825908342448348E-01 a      1618     1     3     2    10
  1.3938481394424099E-01 a      1619     1     3     2    11
 -9.0485172900456512E-01 a      1620     1     3     2    12
  2.4238044924213673E+00 a      1621     1     3     2    13
 -5.7266391748417200E-01 a      1622     1     3     2    14
  5.5608745365411694E-01 a      1623     1     3     2    15
  8.1249770448253178E-01 a      1624     1     3     2    16
 -3.5711669549254410E-01 a      1625     1     3     2    17
 -2.9855477252376844E-01 a      1626     1     3     2    18
  6.5329881139042678E-01 a      1627     1     3     2    19
