     -0.3155370091
      0.2507454619
      0.5509824623
     -0.6547588575
      0.0511547648
     -0.2006130344
      0.1816281710
      0.1777500916
     -0.0199433664
      0.5152925931
     -0.0415237348
     -0.3047042894
      0.2349362193
      0.2433021877
      0.3091528578
     -0.0064167895
      0.2335036575
      0.2610673494
     -0.2894719624
      0.5117980677
     -1.0716289629
      0.4498573396
     -0.4025810344
      0.4723956218
     -0.5289528195
     -1.4860455203
      0.6258579318
      0.1584467038
     -0.9767240987
      0.4662410364
     -0.0236139804
      0.1085025631
     -0.8033598282
      0.3222678445
     -0.9715821138
      0.7336813315
      0.5374438808
      0.4156923370
     -0.1498190067
     -0.6694958069
     -0.6111340478
      0.1650882722
     -0.0480713465
      0.4253167322
     -1.6358273599
     -0.3584384478
     -0.7260012757
     -0.0367988038
     -0.0606385741
     -0.5002767149
     -0.0985190594
      0.8572385157
     -0.3667347456
      0.6152191924
      0.3186269685
      0.2388537574
      0.2434194967
     -0.3229270872
      1.3907245185
      0.5311896625
     -0.6340259151
     -0.0996709099
      0.5907272824
     -0.1417666055
     -0.4504771925
      0.7139202836
      0.2376931277
     -0.5989968012
      1.3140999641
     -0.2267960816
     -0.3032832917
     -0.2963374621
     -0.0792074863
     -0.9690189150
      0.7716636341
     -1.3541794605
      0.0218736007
      0.6813570205
     -1.6362422776
     -0.0415634913
      0.1391298259
      0.0393872759
      0.1645024739
     -0.8864605750
     -1.5558253045
     -0.7572242744
      0.0742743647
      0.1885602893
      0.2504142215
      0.2609230846
     -0.2424664385
     -0.1126706935
     -2.2512411282
     -0.4082784386
      0.0025057292
      0.0192294283
      0.3117956573
      0.7002963593
      0.1958787200
      1.4631772175
      1.0456482003
     -2.3269654067
      1.7711496872
     -0.0662362530
      0.3415627082
     -1.4771559532
      0.9024361740
      0.9128397037
      1.9790868094
     -1.1823795448
      0.6616637112
      0.2848781033
     -0.1543883998
     -0.5058366113
     -0.1099437956
      1.1166799740
      1.9554265093
      0.6437638783
     -0.6377479405
      0.2700216243
     -0.3460226764
      0.2908717749
      0.5234319071
      1.4947031646
      0.8497881668
     -0.3608094623
      1.8935927901
     -0.0570038349
     -0.3003338819
     -1.1470963137
      2.0628655694
      0.9289120944
      2.5235137946
     -0.4121366305
     -0.4374348501
      0.3166351775
     -0.3784083853
     -0.4247698604
     -1.0964829434
      0.2215410834
      2.4845522584
      1.3132399232
     -0.2805420391
      0.2750712542
      0.8601880891
     -0.3412943685
     -0.7406131324
      0.4586009643
      0.6804533772
     -0.0990053206
      0.5252201848
     -0.1327239966
      0.1408992486
     -0.3163608358
      0.5613796686
      0.1209747498
     -1.0706435356
     -0.3963428495
      0.1303456147
      0.1918813034
      0.6630758137
     -0.3363183778
      0.0683787296
      0.8166576825
     -0.3433391852
      0.7408882163
     -0.3127237439
      0.4709712689
      0.8993229040
     -0.4884451647
     -2.5023613240
      3.9361170399
      0.4350691932
     -0.6771866903
      4.1469401768
     -0.1306064986
      0.5029107621
     -0.9159094421
      2.7503897232
      1.4735115159
      0.8152733878
     -0.3262052379
     -0.0131149509
     -0.0715288241
      0.0819577528
     -0.3836103667
     -0.1098609170
      0.6717633649
      3.5466841560
      1.1175055724
     -0.3384724708
      0.7905820068
      0.1812943769
     -0.1202071524
      0.2067024593
     -0.2296617395
     -0.1620904222
      0.1575445438
      0.0954798115
     -0.0760276568
      0.0410264183
      0.0712767608
     -0.2271030758
      0.1329403675
      0.2233167617
     -0.0874350942
     -0.2821731498
      0.0632195343
      0.2524094771
      0.1495059709
     -0.2053400598
     -0.2527405612
     -0.1567157349
     -0.1241631612
     -0.0617794758
      0.1490239018
      0.6627505789
     -0.1706068617
     -0.2604928163
     -0.2801907090
      0.2455669712
     -0.0975856487
     -0.1345354807
     -0.2190817087
     -0.0841630610
      0.2196075770
     -0.1992947053
     -0.1748078024
      0.2778104498
     -0.0742846829
      0.0946124940
     -0.4545693188
      0.5921505829
     -0.0005108891
     -0.1456698370
     -0.5130428201
      0.3190070999
      0.1145112068
      0.3173774829
     -0.1493996500
      0.4862943750
     -0.2805362787
      0.3662048245
     -1.0431760281
     -0.4573989638
      0.8884266470
     -0.9755839418
      0.1615474789
      0.1074135147
      0.9547795956
     -0.2601050690
     -0.6796342824
     -0.9959009100
      0.4620810375
     -0.1234774124
      0.1949842388
     -0.3446669623
      0.2120919430
      0.4277042743
      0.0675789513
     -0.9531387449
     -0.0645295250
     -0.0413667645
      0.3809410919
     -0.3839750212
     -0.0612944160
      0.3692863577
     -0.3066178515
     -0.1172266265
      0.8901676451
     -0.0887856510
      0.3306688767
      0.2814202697
      0.1494744458
     -0.0784016539
      0.0375946248
     -0.2689125112
      0.6078256278
     -0.2221844909
      0.1142574050
     -0.4042693014
     -0.0284214514
      0.0945186479
     -0.0554338432
     -0.8628942253
     -0.1041506197
     -0.0223553370
      0.0154533014
      0.1682927934
     -0.8392674694
     -0.0375834626
     -0.1095153175
     -0.0731303607
      0.3037637186
      0.0004372666
     -0.0852542426
      0.4482909338
     -0.0658145864
     -0.3358039720
      0.3310947247
      0.0840968903
      0.1693730828
     -0.2543335473
     -0.4833681940
      0.1669296991
     -0.4955703517
     -0.2832232384
      0.0296628670
     -0.0160029270
      0.1514985480
     -0.0669216862
     -0.3205297674
     -0.5497755804
      0.4580305176
     -0.3084951674
      0.5442883084
     -0.6217389436
     -0.9116580691
      0.3346469334
     -0.0772201541
     -0.3133310942
     -0.9847655244
      0.5823742163
      0.5842456253
      0.0268873343
     -0.1696791067
      0.0671277929
      0.2800506668
     -0.0158274328
      0.3288441328
      0.0128651902
     -0.4791636973
     -0.2171623081
      0.2382192144
     -0.0847219213
     -0.0306546561
     -0.2087206631
      0.0686177049
     -0.4301151502
      0.0191324700
     -0.1123099977
     -0.2670912474
     -0.0370497484
     -0.2716928356
     -0.2631540837
     -0.1218410905
     -0.9356479354
     -0.2678630795
      0.3654549913
      0.3922294752
      0.0324786886
     -0.0533824673
     -0.3159370566
     -0.2119725712
     -0.0486905900
      0.6098128093
     -0.1894308544
      0.1112094484
      0.2234834106
     -0.1189773137
      0.3536464831
      0.0601954600
     -0.1833210695
     -1.1261931193
      0.1936559922
     -0.4600408841
      0.2820374085
     -0.0347433469
     -0.4691439108
      0.6352180834
     -0.2518052855
      0.6216604340
     -0.2617867371
     -0.0705516953
     -0.5559637103
     -0.3642630755
     -0.2159721928
      0.2611426318
      0.6722903789
      0.2548513933
     -0.9038586081
      0.2459836257
      0.2471233746
     -0.3785569321
      0.2773084711
      0.2110194088
      0.2816608592
      0.0388299945
      0.1000730689
      0.6660062824
      0.0538071209
     -0.1878347427
     -0.0965445976
     -0.4568128675
     -0.5634404408
      0.5014723241
     -0.0970817008
     -0.6412814472
     -0.1059222642
     -0.1355767139
     -0.5939724839
      0.1384021583
     -0.0232010500
      0.2909388399
      0.2145905547
      0.3089517355
      0.2995497194
      0.1150169842
     -0.0997364445
     -0.4317082097
     -0.0181342104
      0.2206010329
      0.0431645948
      0.0416210707
     -0.1094954979
     -0.2044702234
      0.1204176275
      0.2282055544
     -0.1039572383
      0.1834406318
     -0.0377798303
     -0.4481208250
     -0.4567547109
      0.1454299654
     -0.2641538162
     -0.2135504558
      0.2906178707
     -0.4203755104
      0.7823566057
     -0.0619045378
     -0.3725818063
      0.1389452095
     -0.5187482897
      0.4103289859
      0.0813922076
      0.6743922098
      0.0679034551
      0.3926949723
     -0.0186882348
     -0.5392999480
     -0.4215870858
      0.1490313577
      0.3850082093
     -0.5141999550
     -0.3559343150
      0.1126274751
     -0.5494776022
      0.2478733531
     -0.2013356517
      0.2990205505
     -0.0035296824
     -0.3721634961
     -0.3172057430
     -0.0750613068
      0.0866663106
     -0.6028562150
      0.6536848579
     -0.1299819135
      0.2554799724
      0.6135546748
      0.6142091877
     -0.2464240300
      0.5075923189
     -0.3863187630
      0.0533874938
     -0.2176343589
      0.6831590523
      0.2607547192
      0.3428989746
     -0.9943570301
      0.2011699932
      0.5763046917
      0.1131620217
     -0.4451503140
      0.5700073368
      0.1495551981
      1.0581603551
      0.4559344941
     -0.1934122039
      1.2212729895
     -0.0336663315
     -0.2962127080
      0.3583874905
     -0.0087040605
      0.0501371796
     -0.3179585815
      0.0538809604
      0.0251279726
     -0.1063066356
      0.0640586304
     -0.0397965916
      0.1962678238
      0.0603355595
     -0.3328353779
     -0.1223080674
     -0.0332994445
      0.2022454766
      0.2215138647
     -0.0725726325
      0.4375436951
     -0.0025873547
      0.0760178981
     -0.4052892999
      0.5009912557
      0.3491548676
     -0.2584646109
      0.3187708271
     -0.4060182694
      0.0964272265
      0.2734242827
      0.0346784376
     -0.7543586087
     -0.2336019954
      0.6700424364
     -0.3009639515
     -0.6678047556
     -0.1361647207
     -0.0640110684
      0.1845436635
      0.2328188283
     -0.4101321835
     -0.0829938659
      0.5149981028
     -0.1306993690
     -0.7866908495
      0.4224959792
     -0.0379436822
      0.8024184039
     -0.5810790145
     -0.0606007214
      0.0275108499
      0.6471751590
     -0.3566752778
     -0.6398964840
     -0.3932758111
     -0.4011586615
      0.1514420887
     -0.0796287811
     -0.0336681133
     -0.4217701611
     -0.2230429147
      0.0753886946
      0.5852710157
     -0.0163497755
      0.4741302473
      0.3719198760
     -0.0575575819
     -0.0173354701
     -0.4739037572
      0.5222609024
     -0.4982032307
      0.0356662511
      0.7237194009
      0.2552218708
      0.2902407822
     -1.2166603720
     -0.1880171278
     -0.8711763345
      0.6220326193
     -0.2385275990
      0.2178284858
      0.4321411119
      0.2118916029
      0.4530522706
      0.4432898028
      0.0334890896
     -0.1230654156
      0.1185305585
      0.4805357605
      0.7912317121
      0.1249468030
     -0.6010127940
     -0.5582206234
     -1.0715993531
      0.0200404830
     -0.3478849133
      0.2692335340
     -0.1409184360
     -0.3287264293
     -0.1850746633
     -0.0323373157
      0.8646975295
      0.0255017268
      0.2051461358
      0.6943742200
     -0.9713559551
     -0.1190572725
     -0.0648672797
     -0.8724755737
     -0.4209793621
      0.4843518263
      0.1323950417
      0.6435290813
     -0.0182116044
      0.3608057680
      0.0560851273
     -0.6598138106
     -0.2401131821
     -0.5325451109
      1.1826866862
     -0.2526737003
      0.1161072642
     -0.1424292939
     -0.0454955311
      0.0058945725
     -0.1106250572
     -0.5110642798
     -0.2804390916
     -0.1015713745
     -0.1132603798
      0.1139469839
      0.1844980232
      0.5329904296
      0.1694647236
      0.7172969050
     -0.0226512946
     -0.1613361956
     -0.4378643726
     -0.1444913472
      0.1550521512
      0.0319745225
     -0.0085350950
      0.0912217358
      0.0466963371
     -0.4649203189
     -0.4268275878
     -0.3330082696
      0.1096971069
     -0.3060335519
     -0.0108314999
     -0.6736573938
      0.2848355061
      0.5745664477
     -0.4129977256
     -0.2204959764
     -0.2447928317
      0.3647118696
      0.5136753590
     -0.3581738722
     -0.1019533241
      0.1296869291
     -0.2691673987
     -0.0354999007
      0.0770810853
      0.3257945954
     -0.1845960215
      0.2330227696
     -0.3724896194
     -0.1628128601
      0.1623523252
     -0.3878364968
      0.1768670985
     -0.1349114031
     -0.1764353523
     -0.4591646494
     -0.0405776047
     -0.6767861693
     -0.1496079627
      0.0499388423
     -0.1783871848
      0.1641646574
      0.1708057118
      0.4889211685
      0.4706816523
      0.3083320643
     -0.1835371362
      0.3603850499
      0.2397597580
      0.0825374739
     -0.4438705981
      0.0522001943
      0.4456131279
      0.0875935002
      0.0096507908
     -0.1615695567
     -0.1314685794
     -0.0347583895
     -0.3767906149
      0.5390669400
      0.4320900310
      0.2907603066
     -0.1313257998
     -0.2457063598
      0.1468451617
      0.4339907800
     -0.2894866533
      0.3868038273
      0.0473963698
      0.6864168777
     -0.3588722714
     -0.2364318051
      0.2396172687
      0.1860510042
      0.0592358953
     -0.1181176100
      0.0197471072
      0.1606723219
      0.2079208339
     -0.3762002268
     -0.5533997449
      0.0942121316
      0.9637827514
     -0.1363928801
     -0.2568452958
      0.0570499627
      0.0833498072
     -0.9179156858
     -0.2503120150
      0.0236901072
     -0.0508038042
     -0.3835779684
      0.2756971794
     -0.0339160536
     -0.2239896272
      0.2682932517
     -0.1575241511
     -0.1381955621
     -0.3590261542
     -0.2138155847
      0.5524134256
     -0.2240936411
     -0.1182577847
     -0.1387214781
     -0.2267492163
     -0.1258411376
      0.2118783552
     -0.2069522321
      0.0290664764
      0.1102456572
      0.1469163529
     -0.1967137220
      0.1308636576
      0.1399192947
      0.2942027845
      0.2108966685
     -0.1151725370
     -0.2123313231
      0.1539351273
     -0.2284981432
     -0.1419611242
     -0.0997676633
     -0.2193738373
     -0.1354647740
     -0.1917741115
      0.0572422944
     -0.3244352532
      0.2011218612
     -0.1677376736
     -0.0366832554
      0.0747237461
      0.1769420804
     -0.0933355198
     -0.0126794975
      0.1848738718
      0.0929680248
      0.0584477332
     -0.2929718335
     -0.0855221019
     -0.0938923615
     -0.2498088201
      0.1720756703
     -0.2018991079
      0.0774713189
     -0.0605981941
     -0.2170860588
      0.2358289971
      0.1249079664
     -0.1683074488
     -0.2061042725
      0.0076536154
     -0.0360631414
      0.0773170072
      0.0324569673
     -0.3852338514
      0.1128875210
     -0.0811682049
      0.2653002301
     -0.0524717808
      0.4622774728
     -0.0716269135
     -0.0570157328
      0.0493272869
     -0.0216694115
      0.1902461521
     -0.3034051325
     -0.3207442345
      0.2600140776
      0.1525166603
      0.4390579777
     -0.0982330769
     -0.1095305395
     -0.2380807306
      0.1933441291
     -0.1695369948
      0.1400371196
      0.0582284174
      0.3024611985
     -0.1509683022
      0.3528879771
      0.3000906773
     -0.0624940835
     -0.1308116281
     -0.0591814061
      0.4326936939
      0.2579044004
      0.2953341950
      0.2494889277
      0.1414316006
     -0.3772716490
      0.0711208277
      0.1566250558
      0.2170354499
      0.6608611507
      0.0668690226
     -0.2324083869
     -0.0043972981
     -0.2266430402
     -0.1957657662
     -0.2352976228
     -0.0509062491
      0.1018794731
     -0.1845660966
     -0.0876888180
     -0.1648241071
      0.2182117048
     -0.1611945022
      0.3038956097
     -0.2859236844
      0.0164247552
     -0.2791284594
      0.2876881179
     -0.2552479374
     -0.1083534306
      0.2923986648
     -0.0619386021
      0.2268415705
     -0.1668914543
     -0.1162841697
      0.2504111393
     -0.3140580937
      0.2703369034
      0.1013380924
      0.1636794606
     -0.2090076845
      0.3029451473
      0.2805548210
      0.0425927614
      0.2454289890
      0.0287446784
      0.1608493080
      0.1838262653
      0.3053741636
      0.0507964509
     -0.0344092473
     -0.1959257524
      0.1366049871
     -0.2673021253
     -0.1618218326
     -0.2260958402
     -0.1952864569
     -0.0008873169
      0.0052385464
     -0.2759710299
     -0.3128544909
     -0.3764460382
      0.1722236077
      0.2314122396
     -0.5349725195
      0.1155295234
      0.0511422815
     -0.3395057039
     -0.1184654221
     -0.0174461004
      0.4113728439
      0.0536313513
     -0.0587822828
     -0.1814867939
      0.2334206549
      0.3371263811
      0.2079285715
     -0.1576032506
      0.2743338509
      0.2257642045
      0.2668311637
     -0.2445528780
     -0.1464726088
     -0.2727251417
      0.1172630923
     -0.0610647491
     -0.1473686359
      0.2033101146
      0.2711931979
     -0.4589325840
     -0.3387282483
     -0.0500211802
     -0.1541733776
      0.1444121121
     -0.4415629717
     -0.0451948645
      0.0831843178
      0.3758958839
     -0.0623890410
      0.0937409242
     -0.0973539669
      0.3564184485
      0.3296871425
     -0.1607603735
     -0.2978703810
      0.3516952918
      0.3932776211
     -0.1801614533
      0.2109154911
      0.2221735750
     -0.2624444916
      0.1005311911
     -0.0408740855
      0.5884497247
     -0.1143084077
     -0.0892973503
      0.2880986921
      0.0303883818
      0.1932261765
      0.4198989272
     -0.3900568827
     -0.0527488957
     -0.0837157624
     -0.2182511594
      0.2645752234
      0.0453056556
     -0.3548668533
     -0.0737035690
     -0.2634028874
     -0.4877728953
     -0.3662304709
     -0.4196173419
      0.0534141895
      0.1630194921
     -0.2621695384
     -0.0788919995
     -0.1040426416
      0.1354807589
      0.0059361269
     -0.0121696435
     -0.2773898253
      0.2530802339
     -0.1141997353
     -0.3686205603
      0.0440299762
     -0.3488521608
     -0.6351529066
      0.0024735250
     -0.3901187100
      0.0343532113
      0.0879410519
      0.0392618519
      0.2952325625
      0.2273744346
      0.1235494154
      0.1874950705
      0.2890236283
     -0.2598936766
      0.2208192737
     -0.0057750015
      0.0422600995
     -0.2964423873
     -0.1744323439
     -0.2885717852
     -0.1951484371
      0.1476648605
     -0.1653881242
     -0.4320696899
      0.1770103591
      0.3288199262
      0.0763554578
      0.0443724933
     -0.0937531142
     -0.0497308007
      0.1981908319
     -0.2407120965
     -0.2125661227
      0.3084404382
      0.1328477914
      0.1140088014
     -0.0238960279
     -0.0893593815
     -0.2499123100
      0.2952215658
     -0.5246066604
     -0.2751235413
     -0.0644491106
     -0.1474902759
     -0.0179899515
     -0.2835049818
      0.0752027161
     -0.1646828709
     -0.5762378861
      0.0661657887
     -0.3873524092
      0.0574464728
     -0.1812830096
     -0.2102397410
     -0.1833316361
     -0.0063761000
     -0.2632345615
      0.1517183349
     -0.0141771507
     -0.1143215185
      0.0768995566
     -0.0190900840
      0.1114162983
      0.0669084320
      0.3308777401
     -0.0416073429
      0.0139559031
     -0.4651127706
     -0.2033975822
     -0.1114031920
      0.0594327464
     -0.0547156629
      0.1966910066
     -0.0751500475
     -0.2680522872
      0.0607845336
      0.0586128686
     -0.1685273893
     -0.2461188383
     -0.3261333198
      0.0530807724
     -0.0761944835
     -0.0216720625
      0.3847420401
      0.1041227883
      0.3735742381
      0.1101630309
      0.1868301733
     -0.3528499749
      0.6746900433
     -0.0812667998
      0.0318059537
     -0.0276548655
      0.4213581607
      0.5457297335
      0.5328953566
     -0.5617591143
      0.2576691675
     -0.7080456973
     -0.1968561693
     -0.0380674912
      0.4285488862
     -0.2323813763
     -0.2775042512
      0.3631370921
      0.4264227436
     -0.1096184081
     -0.4046349103
      0.5745110207
      0.2954367965
     -0.0991036550
      0.0077060341
     -0.1660390827
      0.4433186170
     -0.7626122730
     -0.2513156529
      0.1306608434
     -0.1234685315
     -0.2602619956
     -0.0337955747
      0.3507636036
      0.1519440927
     -0.2542721431
      0.1779814412
     -0.0205617021
      0.0123225261
     -0.2631974360
      0.2132802682
      0.3632195582
      0.1674886865
     -0.2154777406
     -0.0347883523
     -0.0599787964
     -0.2059966246
      0.5963641779
     -0.5545662369
      0.8455532931
      0.0499330612
     -0.5795738966
      0.6333862651
      0.0496460355
     -0.2158906607
     -0.4996238805
      0.3068810290
      0.1969411409
      0.8291072065
     -0.1336015881
     -0.1114148898
     -0.2342954554
     -0.2311902200
     -0.4986636359
     -0.1146773057
      0.0475798991
      1.0473064867
      0.5427350336
      0.3984592829
     -0.4684017706
      0.2647987725
     -0.3106137234
     -0.0005575049
      0.3320447967
     -0.1303139982
     -0.0428761694
     -0.4233101210
      0.1973901515
      0.2365402684
     -0.2667167073
      0.4028838772
      0.5162527568
      0.2872902757
      0.3319421595
     -0.0606650238
     -0.1620275509
      0.2150638192
      0.1269180725
     -0.1624501422
      0.0268798899
     -0.6709512519
      0.0492359627
     -0.0672476173
      0.1346943144
     -0.2619037560
     -0.2022727870
      0.1547398688
     -0.6809671539
     -0.0478078259
     -0.0108014517
     -0.9974953715
      0.1463351184
     -0.2001072015
      0.1815271817
     -0.3975705075
     -0.3441824477
     -0.6373977360
     -0.3746156210
     -0.0888850291
      0.2894171023
      0.1891362521
     -0.1761176390
     -0.2383382613
      0.1515653013
     -1.3511090578
      0.1373018393
     -0.1828919280
      0.2477076429
      0.0663211495
      0.2281984505
     -0.2358433470
     -0.1217439543
     -0.2713993383
     -0.2159311549
     -0.0321299281
      0.1375423874
     -0.1977630892
      0.1184565733
      0.2416935963
     -0.0686618671
      0.0281843642
      0.0952227115
     -0.1305991499
      0.0257467771
     -0.2977844227
      0.0354591126
      0.2926792904
      0.2335958157
     -0.1242116960
      0.2233083732
     -0.0682995811
     -0.0952632843
     -0.2563308150
      0.2920589922
     -0.2866862357
      0.1912116983
      0.1050008991
     -0.0734709578
      0.2669209353
      0.2455791585
      0.2593326785
      0.3253445974
      0.2236464700
     -0.1450035396
     -0.0398994335
     -0.1664638527
     -0.2780967938
     -0.2900892205
     -0.2248797125
      0.3024404631
      0.2431155898
      0.2155703034
      0.3062207211
     -0.1049477962
      0.1175687589
      0.1343710072
      0.2085344555
      0.2201254401
     -0.0445857867
     -0.1904598557
      0.0698447144
      0.0110714625
     -0.1481883963
     -0.1872905397
      0.2512205940
     -0.1799706576
     -0.4295014148
      0.1407629092
     -0.4949626454
      0.3281610344
      0.0147156662
      0.1089733605
     -0.0656834606
     -0.0323193000
      0.1395377361
      0.0720390354
     -0.4805915164
     -0.3209510260
      0.2292663009
      0.2224968464
      0.0538064207
      0.0220788745
     -0.2025037108
     -0.2195629802
     -0.1391092028
     -0.1827876962
     -0.2378053633
     -0.0422236272
     -0.1772785457
     -0.0674862709
     -0.0787847568
      0.0927610184
     -0.0551432186
     -0.2402382092
      0.0261646966
     -0.2004290491
      0.1715331870
     -0.1285855769
      0.0050626466
     -0.1742385150
      0.1110885771
      0.1339572744
      0.2928116242
      0.2561227443
      0.0286638490
      0.1630265566
      0.3469663156
     -0.2375946120
      0.2210027015
     -0.0191071814
     -0.3179130944
      0.0709612048
      0.0469954202
     -0.4095883690
      0.4238595153
      0.0212860000
      0.1099259172
     -0.2799304691
     -0.1716252746
     -0.1870405400
      0.0398967098
      0.0074610573
      0.0697106358
     -0.1491246997
      0.2256717357
     -0.1231714650
      0.0722101430
     -0.0922953478
      0.0008573181
      0.1032211921
     -0.1086611920
     -1.0741156648
      0.4254158953
     -0.0575843936
     -0.1536365302
     -0.2365074387
     -0.2326807679
      0.3418106681
     -0.0931231329
     -0.0614102618
     -0.5190020655
     -0.0982293058
     -0.0621737089
     -0.3072651082
     -0.2750109267
      0.2041382676
      0.1179555892
      0.5460233526
     -0.2787602241
     -0.1398637155
      0.2224549789
      0.1268014485
     -0.1313619864
     -0.0439701233
      0.0574768000
     -0.0106937234
     -0.1085390719
      0.2243360001
     -0.6607179502
      0.2897334442
      0.0495202749
     -0.1236597783
     -0.7375842080
     -0.2581459916
      0.0619355104
      0.5305731267
      0.1217059024
     -0.2547199538
      0.1775682706
     -0.4726583305
     -0.0045482530
     -0.0282394833
     -0.6143355216
     -0.0035853635
      0.2445731932
      0.2753330856
      0.1573773981
     -0.0292790259
      0.7170005448
     -1.7497508726
     -0.0463470100
      0.2838499449
     -2.0293100068
      0.1593402940
     -0.3486859961
      0.1329237640
     -0.7929279946
     -0.5325332928
     -0.7893211748
      0.0474657705
     -0.2371882758
      0.0932284237
      0.2847490842
     -0.0779986474
     -0.1885242579
      0.9013037086
     -2.8043123812
     -0.3112809690
     -0.2921870601
     -0.0712117671
     -0.1173842987
     -0.1510828025
      0.1145435573
     -0.4722429654
      0.3303484382
      0.2489559400
      0.1961007130
      0.1363348732
     -0.1640925124
      0.0374138045
      0.1432312922
     -0.3558318209
     -0.0439888829
      0.1324382674
      0.1124801841
     -0.0283973034
      0.1171391780
      0.1974696740
      0.2130040196
      0.1740263629
     -0.1621461971
     -0.0347857230
      0.0960256649
     -0.1493025157
      0.2343970780
      0.0659581842
      0.0986936321
     -0.2023931449
      0.0639049179
     -0.1456064156
      0.3469545465
      0.1102890656
      0.1624598077
     -0.1778327155
      0.1305174748
      0.0279968592
      0.0587502979
      0.2274755590
      0.1086757566
      0.0266324329
      0.1473906537
     -0.1055941882
      0.1653808547
     -0.0881938596
     -0.0197585284
     -0.1941699845
      0.1875997014
      0.3617894124
      0.2720760747
     -0.3021974214
      0.1413767306
      0.2431698317
     -0.0794456560
     -0.2508209701
      0.1463143735
     -0.2445618441
     -0.2432524233
      0.1068220620
      0.0749980747
     -0.1322408144
      0.1457310710
     -0.2488179542
     -0.2990892469
      0.2158620382
     -0.2758111054
     -0.1894097657
      0.2994165464
     -0.2860797885
      0.0500951452
      0.1037616723
     -0.1158135737
      0.1610857626
     -0.0776380658
      0.0526768515
      0.2343812181
     -0.3265170696
     -0.2127055941
      0.4180661191
     -0.0646664679
      0.3006999360
     -0.2672963265
     -0.1145107498
     -0.1551415554
     -0.4564953325
     -0.1765912874
     -0.1639004903
      0.3100062661
      0.2297173460
      0.0023835171
      0.0045851607
      0.2362202104
      0.0222519849
     -0.3932286806
      0.0751901192
     -0.0273037000
      0.2922487378
     -0.0974766778
      0.2399317962
      0.1669269708
      0.0055618018
     -0.1472955452
      0.0702528351
     -0.0367427785
      0.2063845683
     -0.0197839465
      0.3584216778
     -0.0275761202
      0.0404193289
     -0.3429839565
      0.0521633733
     -0.2317794374
     -0.0777211158
      0.2137562321
     -0.1666138455
     -0.1405910991
      0.1812629716
     -0.2155503384
     -0.0326583275
      0.2180682786
      0.1311289788
      0.1596000860
     -0.2096280654
      0.3613160858
      0.2881488108
      0.0104967287
     -0.4031619781
      0.2292181052
     -0.3056054121
      0.2239197303
     -0.1545819789
      0.3051979343
      0.0386706744
      0.2137646019
     -0.2194050926
      0.2689275371
      0.2511032915
      0.1664030467
     -0.3764105496
     -0.1897871629
      0.1520462935
      0.6011423945
      0.3284541751
     -0.3135840709
      0.4007558558
     -0.0681624542
      0.1028465379
     -0.3237323978
      0.9993846478
     -0.3066979758
      0.1018255539
      0.4137202845
      0.0720083798
     -0.0945157636
     -0.0322505200
      0.2326196375
      0.4634176181
      0.2010640950
     -0.0247405224
     -0.1113122146
     -0.1395568210
     -0.2426703122
     -0.0418343092
     -0.2448500715
      0.1697625244
      0.7485816100
     -0.1227428090
     -0.0340970182
      0.0866967111
     -0.2768882835
      0.2712334888
      0.2686329052
      0.4472741568
      0.4491794687
     -0.1264201709
      0.3069298208
      0.2431875181
      0.3076601677
     -0.1780872859
     -0.0059038604
     -0.2649579651
      0.4716563236
     -0.1119690336
     -0.0022301816
     -0.2607865729
     -0.0589988207
     -0.0411511222
     -0.2924679400
      0.1351753602
      0.0323390391
      0.1512551982
      0.0991265311
      0.0006331960
      1.1564065756
     -0.2520884622
      0.3909991203
     -0.0779518455
     -0.4148958463
     -0.7262783145
     -0.8599046989
     -0.2024911997
     -1.3786884485
     -0.6474011180
     -0.1382544906
     -0.0605496796
      0.4071158397
      1.0599117108
      0.5669919737
      1.2287773189
      0.1124278568
     -0.2850941831
      0.2823661386
     -0.1084951027
      0.5690516037
     -1.1298766788
     -1.0085673074
      2.0425452665
      0.9299068257
     -0.4405488658
      0.3373563942
      0.1306277326
      0.3623124725
      0.1982558677
     -1.2890472567
     -0.5573362361
     -0.0435323455
     -0.1851323097
      0.1404464501
      0.3491759804
      1.8053490931
     -0.3985314819
     -0.6355140830
      0.6092725208
     -0.0684279008
      0.2808079010
     -0.6537997272
      0.4074051562
      0.4848488742
      0.2190578995
     -0.4165010851
     -0.1495037928
      0.1847497767
      0.1120159772
     -0.9635025039
      0.3199286310
     -0.6357324610
      0.3451049868
     -0.1347614584
     -0.3323940557
      0.1724047206
      0.2835557166
      0.2512053761
     -0.1387709526
     -0.0459815832
      0.8173310127
      0.2397219115
     -0.5216861106
      0.1149337074
      0.1926261326
     -0.1185211674
      0.5704250759
     -0.4313412625
      0.7149768559
     -0.1334115737
      0.1782102084
      0.1139898429
     -0.4098981137
     -0.0408161075
     -0.3550520077
      0.6628955406
     -0.7706352742
      0.2715868265
     -0.2797221169
      0.2597837548
      0.4575394689
     -0.1062324564
      0.8294104059
      0.2973474816
      0.6282775774
      0.3051450239
     -0.4228332320
     -0.0544632652
     -1.3853735361
     -0.4690400264
      0.7551659151
      0.6694079876
     -0.1156752758
      0.4321473378
      0.1471368227
     -0.4892873545
     -0.0904055642
      0.3709153072
      0.2569298772
     -0.2767340070
      0.5041537353
      0.4814619995
     -0.1226289731
     -0.4951322636
      0.0444986034
      0.9901302210
     -0.0892302499
      0.2625015818
      0.5793270142
      0.4309902624
      0.9787330057
      0.9589502750
      1.0925315078
      0.1692327223
     -0.4250892404
      0.3854213663
     -0.0539764626
     -0.3031644191
      1.0303045576
      0.0934374514
     -0.7934900165
      0.0502564970
     -0.3375116963
     -0.4965667947
     -0.0348803488
     -0.7118666466
     -0.7835871501
      0.6324437526
     -0.0648561610
     -0.5562367733
      0.2137685031
     -0.3791214419
      0.1239839707
     -1.1611461421
     -0.3983450451
      0.1446566577
      0.2853894576
      0.3558530195
     -0.1922644323
      0.5552636295
      0.5835224261
      0.7804650960
     -0.5596664882
     -0.3999464347
      0.4515157395
     -0.4870980257
     -0.1015223643
      0.2100717410
     -0.2982261963
     -0.4335277410
      0.3959706896
      0.2421897166
     -0.3320565230
     -0.6311997675
      0.2634357812
     -0.7366873903
      0.3563517807
     -0.4517372869
     -0.6926502476
     -0.2101734842
      0.2027375796
     -0.7249160737
      0.2109092802
     -0.1587821590
      0.0902517499
      0.0627687794
     -0.2788835611
     -0.8264229307
      0.4564703346
      0.3191120649
      0.8485005834
     -0.5442176254
      1.7763554603
      0.3052641409
      0.1436233328
     -0.1979165007
     -0.8467461413
     -0.1065804600
     -1.0380192856
      0.8261067643
      1.1379543582
     -0.4885020825
     -0.6405763638
     -0.2374520338
      1.1071253197
     -0.3966857965
     -0.1612176164
     -0.0301496523
     -0.1979426543
      0.8254021121
      0.0709752222
     -0.2052420859
     -0.0982112165
      0.0111430484
      0.3283971361
      0.4254205947
     -0.1349619897
     -0.0418411868
     -0.4281893098
      0.1499261350
      0.4415886298
      0.0825846790
      0.4841450197
     -0.3225957321
     -0.5800747086
      0.4633696314
      0.3749359463
     -0.0628419441
     -0.4148320839
     -0.4027139903
     -0.7224676171
     -0.3914540907
      0.5532908541
     -0.5352928956
     -0.7767283312
     -0.1411904993
      0.2688153595
     -0.5973396023
     -0.4277678212
      0.2187754937
     -1.0556035309
      0.8243811424
     -0.4319809603
      0.3120441654
     -0.7012336572
      0.1112195890
      0.0246742912
      0.3919414870
      0.3250869213
     -1.0953504376
      0.4359561012
      0.7884553070
     -0.3929743816
      0.0557683161
     -0.4240855184
     -0.3000850969
     -0.4866842655
     -0.0562964120
      0.2025816017
     -0.6043362174
     -1.1827453606
      0.1470030914
     -0.3711485725
      0.1667689336
     -0.2963627806
      0.3157865828
     -0.2011774386
     -0.0438030650
     -0.6589397499
     -0.7201429017
     -0.7650473778
     -0.6528988753
     -0.5544115108
      0.0131435657
      0.0112097493
     -0.8465598571
      0.2944546313
      0.2616824758
      0.4760975765
      0.2580784023
      0.2604332374
     -0.2485307557
     -1.1582911139
     -0.6742349069
      0.3203477413
      0.4610799901
     -0.3158041341
     -0.0331176257
      1.3515817006
     -0.3830362494
      0.5476849314
      0.4860136171
      0.7599308842
      0.8953568214
     -0.6244829333
      0.4657164999
      0.6345688485
     -0.0821915929
     -0.3331979443
     -0.3053036148
     -0.3776066136
      0.2067685982
     -0.3983147716
     -0.4023590622
     -0.0696902535
     -0.9238789293
     -0.6982826102
      0.0686574190
     -0.2798552151
     -0.5115739715
      0.2183348260
     -0.2844885712
      0.5814309506
     -0.6734700423
     -0.7506747567
     -0.4156503492
      0.2739338811
      0.1103005880
      0.1798248751
      0.8850865494
      0.4193422591
     -0.5729356410
     -0.0422445721
      0.2306198736
     -0.8573387089
      0.5582883664
      0.4864093963
      0.2263836920
      0.1604513706
     -0.7624545488
     -0.9343387310
     -0.3046871256
      1.3625596662
     -0.3017683666
     -0.4343112778
      0.2090679643
      1.3379465123
      0.2238621896
      0.2440839571
     -0.0603295899
      0.1671577765
      0.6660269943
     -0.2114330247
      0.6862443810
      0.4132002580
     -0.2177775696
     -0.3156912917
     -0.0591303540
      1.0410184725
     -0.0514692315
      0.0427311043
     -0.0771131663
     -0.0296764728
     -0.9916162420
     -0.4401013394
      0.6222414435
      0.5336367597
     -0.4036481861
      0.3602344013
      0.0273485643
      0.3556353359
      0.0148461223
     -0.3313049476
      0.5483058089
      0.3142023913
     -0.0045168216
      0.4311954924
     -0.7848800622
      0.4276895798
     -0.3654615604
      0.1967357151
     -0.3181993286
      0.5526819321
     -0.5163126450
      0.0178209135
     -0.2551390459
     -0.3576009486
     -0.3590090106
     -0.0454946988
      0.0859646627
      0.0577895621
     -0.1691268907
     -0.8422185961
     -0.0129950671
      0.2686740993
     -0.2764417185
      0.5001413645
     -0.7337682839
     -0.2823784399
     -0.0660731231
     -0.2116586449
     -0.4969241691
     -0.6764328877
      0.0845190350
     -0.1183877229
     -0.2415158371
     -0.5664197901
     -0.2182149927
      0.1222424894
     -0.3232857844
      0.2128214220
      0.0765528778
     -0.2029371497
     -0.9893407074
      0.0871311199
      0.0089438745
     -0.3438017680
     -0.1886162523
      0.3844060531
     -0.0167664402
     -0.4974532864
     -0.3608891419
      0.6203704927
      0.3141955824
     -0.3318093929
      0.2722878316
     -0.8660939391
      0.4205160301
     -0.3579733098
     -0.2113462559
     -0.0000209979
      0.2591955392
     -0.2563261339
     -0.2296274376
      0.1947007431
      0.3397575690
      0.3047426131
      0.0269019416
      0.2428816039
     -0.4028815560
      0.1536440878
     -0.4394088232
     -0.3345105467
      0.6577130057
     -0.4764686345
     -0.2410963994
     -0.3781923968
     -0.4504622198
     -0.7473017798
     -0.0671476084
     -0.7569351260
      0.4189774978
      0.0509870058
      0.0825359047
      1.5395068666
     -1.2840785954
     -0.1503890867
      0.1964698894
     -0.4132556533
     -0.8070498967
     -0.3862921060
     -1.1448454645
      0.3500783896
     -0.3787063045
     -0.0229662115
      0.1672855532
     -0.1766691753
     -0.7798088940
      0.3273615830
     -0.2339855071
     -0.5258446307
      0.0354065669
     -0.3057992397
      1.0909250460
     -0.1750844433
     -0.1671882301
      0.2670123499
     -0.4672899542
     -0.5573081082
     -0.3783454904
     -0.1217322300
     -0.3167465579
     -0.0029725320
     -0.4696231648
      0.1605121918
     -0.6497494604
      0.3447672543
     -0.3018797819
     -0.0638678186
      0.2568125888
     -0.2486482971
     -0.3596181722
     -0.0871838015
      0.6369936886
      0.0951608518
     -0.1545996487
      0.9061526622
      0.2811245463
     -0.3075706524
      0.3346546449
     -0.3014036224
      0.5020084718
     -0.6026178087
      0.5648614986
      0.5292501478
      0.3385415700
      0.0796704902
     -0.1679660821
      0.2196714853
     -0.1679495573
     -0.8642165859
     -0.4226671649
     -0.2962989533
     -1.1769062765
     -0.4754524394
     -0.3013190719
      0.1817751684
      0.5254321795
      0.7503209157
     -0.1391807835
     -0.1419931022
     -0.4280243665
     -0.0824989979
      0.5545842972
     -0.7410640002
     -0.3105513329
     -0.2871469805
     -0.5471614574
     -0.1650238018
     -0.2524951228
     -0.4063224101
     -0.5515132051
      0.9587068874
     -0.2991129977
     -0.2961837433
      0.3159393222
      0.6432029616
     -0.7114902834
      0.3339482122
     -0.0243889942
      0.8790461883
     -0.1420031709
      0.4600100422
      0.8541846238
     -0.6328213623
      0.1956578918
      0.6014352044
     -1.3262082084
     -0.0675182914
     -0.1804690563
      0.2293069340
     -0.7928978399
     -1.0887316761
      0.2406164950
     -0.0321808452
     -0.0875838201
     -0.4829410552
     -0.6737684922
      1.2519261189
     -0.5785828801
     -0.7471741004
     -0.6259275524
     -0.7641107951
      0.0599561298
      0.2851787799
     -0.5663377896
      0.0386866407
     -0.2474672216
      0.1595495860
      0.5994451488
     -0.1935156534
     -0.3053032925
     -0.3652220812
      0.6862084600
      0.8390043735
     -0.6738622711
      0.3798394321
      0.0954887222
     -0.0031373811
     -0.7032827370
      0.4041351279
     -0.2306380453
      0.1663084339
      0.3896289418
      0.4831057431
     -0.3236945979
      0.1866854760
     -0.0027078997
     -0.1693264544
     -0.6974451439
      0.4959075716
     -0.8347019031
      0.1307044934
      0.0190962983
      0.5117233733
      0.2758158957
      0.0603949399
      0.0227634255
     -0.4804642728
     -0.3540071507
      0.5399527896
      0.0467297504
     -0.4750288514
      0.2604844435
     -0.1863995610
     -0.2932342950
      0.3505300203
     -0.2315833207
     -0.1749502910
      0.5519820127
     -0.4009164807
      0.4248182549
      0.5757451603
     -0.7627219047
      0.2843073751
      0.0246666565
     -0.8651383870
     -0.1912499211
      0.3209501333
     -0.2063378650
     -0.2629771268
     -0.0092758099
      0.1015315052
      0.5440399289
      0.3355359365
     -0.3660636567
      0.0450066295
      0.5624798750
     -0.0497582854
     -1.3621008436
     -1.0198556857
     -0.8952035649
     -0.4826025964
      1.0659918173
      1.7305895974
      1.0127843474
      0.4493371776
      0.4737273230
      1.0822663734
     -0.6679805272
      0.0569515789
     -1.3119419606
      0.4272851056
      0.4938476450
     -0.6302726753
     -0.1295763513
      1.0588661809
      1.2945077768
      0.9167502348
      1.1040422933
      0.2565538649
      1.1398863958
      0.0206982627
      0.2060067645
     -0.0554910949
     -0.0514583842
     -0.4279428140
     -0.1001714542
     -0.1589229947
     -0.2971227493
     -0.3340590105
     -0.4397083464
      0.2521329667
      0.2812231265
     -0.5189845338
      0.2559512748
      0.2993637871
     -0.1903334605
     -0.3837261013
      0.1120714672
     -0.3984302424
      0.0237852091
     -0.3500122105
      0.1588459844
      0.0474983721
      0.1764545093
      0.2134348361
      0.1391842062
