     -0.5703214159
      1.6621682295
     -0.3216970066
     -0.0011862766
     -0.1139193586
     -0.8874826940
     -0.0364698904
     -0.7535583179
      0.1059307014
     -1.6393448399
      0.2123537351
     -0.0598011783
      0.3428925903
     -0.8058363841
      0.1742556988
     -0.2185153335
     -0.0534564727
     -0.2268281682
     -0.4954256957
     -0.0712645730
      0.2188002058
     -0.1913037892
      0.0132096321
     -0.1646754213
      0.2120562742
      1.1327065944
      0.4377068977
     -0.0198453216
     -0.7957830376
     -0.9369875690
      0.5561602067
     -0.2012565100
     -0.0667471808
     -0.3699717213
     -0.4153219489
      0.1469159998
     -0.7902938539
      0.6896877959
      0.0411694842
      0.0994311040
      0.1566290359
      0.4214956194
      0.5129285324
      0.3448799783
     -0.3932789294
      0.0492342694
     -0.7132586931
      0.1946885899
     -0.0412781997
     -1.3006141770
      0.1140618109
     -0.3240275165
      0.5247863004
     -0.0357804430
      0.7065807132
      1.5190125402
      0.0776963304
     -1.0147315475
     -0.5821873036
     -0.3094948198
     -0.2302118251
     -0.8738031349
     -0.2763499976
     -0.9488341643
      0.3712091702
      0.1171738177
      0.0790227846
      0.7999425850
     -0.0755668953
      0.1705256627
     -0.3819292230
      0.2570877758
      0.6669589444
      0.0220166165
     -0.2077320935
     -0.7480949619
      0.3411281656
      0.3604621282
      1.5516046606
     -1.9740975556
     -0.0676528733
      0.0266188698
     -0.8620113226
     -0.2888126190
      0.0077550258
      0.1379640169
     -0.1185145048
      0.3015058916
     -0.0506752306
     -0.1294072529
      0.4969103396
      0.8068591653
     -0.0100640825
      0.5042456277
      0.4981910614
     -0.1056297390
      0.4490333177
      0.1970163912
     -0.1748965696
      0.0278792293
     -0.3038357053
     -0.4275535515
     -1.8755219542
      1.0558685397
     -0.0221601621
     -0.7758556961
      0.5245581304
     -0.1736155772
     -0.1013415499
      0.1561666895
      0.2096111234
     -1.3187931765
     -0.2740054607
      0.0422904700
     -2.0247897894
     -0.7751045045
     -0.0938539782
     -0.0325629359
      0.1318597261
      0.1510110970
      0.2703982246
      0.5785022922
      0.1002679235
      0.1244434044
     -0.4637900148
      0.4221858349
     -1.1203037596
      2.1899192061
     -0.0686316186
     -0.2970158817
      0.0142168535
      0.0059663171
     -0.4552053027
     -0.1149336295
     -0.4589742905
     -1.0300450822
      0.5210868457
      0.4657635028
     -0.3812404473
      0.2118500162
      0.2060858724
     -0.0199916244
     -0.5272540517
      0.0778928868
      0.9169493833
     -0.9993034082
     -0.0945898000
     -0.4094003931
      0.2304576223
      0.0683666978
      0.1721372392
     -1.4643166760
      0.3820935620
      0.1968656658
      0.0601202369
     -0.4387520135
      0.0000798297
      1.1542397182
      0.3356145610
     -0.4463934058
      0.2251446421
      0.0433219886
     -0.4605235598
      0.8990360561
      0.0307409686
      0.2050360505
      0.1883371288
      0.2553938482
      0.1225412185
     -2.7852367693
      0.1309982408
      0.0075469511
      0.1106869064
      0.1050898443
     -2.0160397858
      2.9310595780
     -0.0673411162
     -0.7813322856
     -0.0034075437
      0.0604995953
     -0.1785552954
      0.7019565414
      0.0137524010
     -4.0867599926
      0.4812148739
      0.1499339585
     -2.1675343262
      0.0298410076
      0.1513772545
     -0.1572325928
     -0.0067707870
     -0.2827536581
      0.0074751275
      0.3797515635
     -0.3317733513
     -0.0011683122
     -0.2542972145
     -0.1088469405
      0.4227266651
     -0.2462876933
      0.1429944644
     -0.1168413455
      0.0107103674
     -0.0468572058
      0.0681166187
     -0.4029913056
     -0.1909662979
      0.0731681405
     -0.2346717103
     -0.0350296540
      0.1096445834
      0.3040727568
      0.1205338166
     -0.3982394679
     -0.2853783361
     -0.3097211828
     -0.0174910688
     -0.0769516121
      0.1635092259
     -0.2748407197
      0.1510189224
      0.9121998292
     -0.3354525825
      0.2601279380
     -0.3456838388
     -0.1962889579
      0.1220140445
      0.1075128356
     -0.4056981960
      0.1415504833
      0.0597204699
      0.1022097789
     -0.6513938123
      0.3097267090
     -0.3279607929
     -0.1950425470
      0.5975425239
      0.1804978764
     -0.5979638836
      0.1349889077
      0.4086319823
     -0.0135366741
     -0.0076658347
     -0.2132072336
      0.1728967069
      0.2840285860
      0.8675709914
     -0.8444031394
     -0.0071912355
     -0.0634004176
      0.0545189042
      0.1390703540
     -0.0288385897
     -0.3274414227
      0.2420840107
      0.2463849312
     -0.9084245013
      0.1133643466
      0.2600892776
      0.2670311649
     -0.0778887472
      0.3071946856
     -0.3462004465
     -0.0918754901
     -0.3228969660
      0.0925593460
     -0.1325863233
     -0.2462443071
      0.0504794439
     -0.2318012871
      0.1180864296
     -0.2292712943
     -0.1221612958
     -0.7041785948
     -0.1481412651
      0.2880680119
      0.1463697476
     -0.4954789937
     -0.1537497748
      0.7738155811
      0.1963364091
      0.2182766325
     -0.0169230319
      0.2706940059
     -0.1600752443
     -0.6292113773
     -0.1203088205
     -0.2182360083
     -0.3217413622
     -0.0996614084
     -0.1354838740
      0.4716978010
     -0.3195565234
      0.4472039536
     -0.4170855116
      0.1160527897
     -0.0434859820
     -0.0505625467
     -0.2210672077
      0.1563544530
     -0.3543715036
      0.5537211620
     -0.1864044851
      0.4557361258
     -0.5443824176
      0.7745931176
     -0.1153377375
     -0.2036691196
      0.5342077490
     -0.3062769087
      0.1848912858
     -0.3072430055
     -0.0488663109
     -0.3702376925
     -0.2430460315
      0.3028011194
     -0.5681167712
     -0.6870114099
      0.4372028745
      0.4786597525
     -0.5317819603
      0.1247104154
      0.2086184050
     -0.4577665760
     -0.2315927201
     -0.2691288943
     -0.3443860406
     -0.7569412220
      0.5637383804
      0.1310999749
      0.4288937285
     -0.4888924288
      0.5076947358
      0.6103408046
      1.1313733698
     -0.1881414039
     -0.2933996131
      0.1788186414
     -0.0041984518
      0.0709669477
      0.4902761031
      0.1806659055
      0.1658279485
      0.1299705116
     -0.2833671166
      0.5301831570
     -0.1975164993
     -0.0072270509
      0.0173040786
      0.2052503100
      0.0262243841
     -0.0057985624
      0.2922509581
      0.5372972938
      0.8623133467
     -0.2644379445
      0.0820067996
      0.2558689523
     -0.1944312518
      0.1776492298
     -0.2175642729
      0.6261873767
     -0.0668067635
      0.2748754130
      0.1366760460
      0.5954418329
     -0.7089097286
     -0.7150743876
     -0.1646590797
      0.7294232040
     -0.3485089575
     -0.0769201305
     -0.6990163388
      0.5896559414
     -0.2981786159
      0.1037507536
      0.9372583488
      0.9643817224
     -0.0894238142
     -0.4149405726
      0.6624242703
     -0.3398322058
     -0.0647812000
     -0.2985871487
     -0.6726317818
     -0.1977392764
      0.2752868422
     -0.2529698127
      0.3284111369
     -0.5679542715
      0.2604915746
     -0.3137622185
      0.7131380804
      0.1779958861
     -0.5929033373
      0.4880958580
     -0.1157466014
      0.2688902013
      0.1140312938
      0.0681590868
      0.3422391318
      0.4115838124
     -0.5664689355
      0.0225115040
      0.2545261028
     -0.5675468426
     -0.4022173378
      0.1723184490
      0.0244141438
     -0.0395383986
      0.2770068405
     -0.2559798855
      0.3622425327
      0.2159805196
     -0.1030267186
      0.3793627103
     -0.0769616891
      0.5559771683
     -0.2699639866
      0.1170294814
     -0.1799517527
      0.0713995244
     -0.0167517313
     -0.1961301926
     -0.1284483636
     -0.1102086271
      0.0238888754
      0.0503674913
     -0.1578069871
      0.2503481710
     -0.2816967613
     -0.2386735605
     -0.2433369269
      0.0612234665
      0.2885852667
      0.7494810368
      0.0245893271
     -0.4648424670
      0.5913625729
     -0.1815291155
      0.2860570141
      0.2615308187
      0.0063401953
     -0.1907760988
      0.4859291238
     -0.3421376775
      0.0782146140
     -0.3817299781
     -0.1725633350
     -0.5435438522
      0.0506188205
      0.3238195153
     -0.2004111983
     -0.3640904386
      0.3371598212
     -0.3105608082
      0.1360846498
      0.1687178635
     -0.4766520990
     -0.3171826601
      0.1145675959
     -0.2054694803
     -0.4236523905
      0.5870793253
      0.3564896982
     -0.4459825469
      0.4065123820
      0.0134117683
     -0.2443869354
      0.2509160495
      0.0009133695
     -0.4626012843
      0.1723457424
     -0.2820190674
     -0.3574328574
     -0.1515978850
     -0.2186004003
     -0.0763892828
     -0.3254819105
     -0.1741565924
     -0.5429735039
      0.6175524572
      0.3370445856
     -0.3745206450
     -0.2109498787
     -0.2381389991
     -0.2110046879
     -0.1771853179
     -0.1205441861
     -0.3160156114
      0.1692858683
     -0.0012784155
     -0.2392466492
      0.1897640744
     -0.2492041548
     -0.0335970638
      0.1523814376
     -0.4524397077
     -0.0273611196
     -0.3204151763
      0.1070605365
      0.3729666296
     -0.0557341217
     -0.0029747504
      0.3838302743
      0.4383601298
     -0.4605123591
     -0.3820380498
      0.0337378611
     -0.0628376224
      0.2351404601
     -0.1814591774
      0.3117931010
      0.3569917134
     -0.0846727122
     -0.0749314965
      0.0684336115
     -0.2299293962
     -0.4967970329
      0.2499380244
      0.1117279228
     -0.0448011223
      0.3155994314
      0.0447322356
     -0.3794627070
      0.0817538658
     -0.4006284987
     -0.3736785384
     -0.8770101350
     -0.0824084162
      0.0485367303
      0.0162474372
      0.1537060393
      0.1968348674
      0.2548974109
     -0.2751096927
      0.2360328062
      0.2359911175
     -0.0829795332
      0.1859643849
      0.2486579846
      0.2482136623
      0.1720099554
     -0.1242527646
     -0.3880173347
     -0.0724707482
      0.0411432711
     -0.2321105422
     -0.3466793528
     -0.2498736444
      0.3856500244
      0.0736721431
     -0.0588073980
     -0.5307859715
     -0.0217169828
      0.0201046989
     -0.0330752517
      0.1266557358
      0.0142481251
     -0.4897664399
     -0.4343209480
     -0.0146891125
      0.0677370151
      0.0290566456
      0.4246999485
      0.6888335284
      0.2990095883
     -0.1347622279
      0.7208988132
     -0.4484020729
      0.1979569776
     -0.2504593213
     -0.1069679136
     -0.1729698434
      0.0811382212
      0.2576960750
     -0.0290525630
     -0.2625957379
      0.1229639092
      0.1337219302
      0.0062088588
     -0.4853931467
      0.8167665731
     -0.5544649993
     -0.2333613155
     -0.0164184321
     -0.1009436990
     -0.3101285273
     -0.2905578628
      0.3790945928
     -0.5063514654
     -0.2347568256
      1.0456997367
      0.1094456925
     -0.0908162010
      0.1141660262
     -0.3124860549
      0.1903065063
      0.4092652809
     -0.0419068478
      0.6863818457
     -0.5280908625
     -0.2407926862
     -0.2876920512
     -0.1435638039
     -0.0645483568
      0.1913627742
      0.1136344785
     -0.1487193927
     -0.5164305418
     -0.4148556930
     -0.3602108408
      0.1973410445
     -0.4506610853
     -0.1572780404
      0.4773751515
     -0.0018489833
      0.4266818786
     -0.1653375939
     -0.1932966421
      0.1240535958
      0.0199819842
     -0.0210888601
     -0.0608487893
     -0.0718521253
     -0.0796986070
      0.2585774831
     -0.6302612371
     -0.1281824420
      0.1020071775
     -0.2381409053
      0.4050071075
      0.1919901224
     -0.2718487563
     -0.0593424411
      0.0657263944
     -0.4137546358
      0.3048719920
     -0.0538616857
      0.2319194548
     -0.4402754784
     -0.0759186819
     -0.2258829755
      0.1154092403
      0.5201906999
     -0.0068900005
     -1.2219230367
      0.0919841924
     -0.5078976904
     -0.6463848127
      0.0123585343
      0.1875090088
      0.0561770156
      0.3737305662
     -0.3323663206
     -0.2972527267
      0.6796888789
      0.1149404719
      0.2239803079
      0.2330028591
     -0.1596224220
     -0.0259173192
      0.0856035651
      0.0321517301
     -0.5859964145
      0.1626847174
     -0.0163486295
      0.2884668939
      0.2055731366
     -0.0582017957
      0.1793111799
     -0.3623824314
      0.5309014400
     -0.7267783810
     -0.3712480941
      0.4253111276
      0.0144982660
      0.2747750437
      0.0602483426
     -0.0243739746
     -0.4396800768
      0.1946198866
     -0.0421421047
     -0.2032063431
      0.0850688099
      0.3909492052
      0.1308070023
     -0.3407502826
     -0.5118760527
      0.4556176655
     -0.0847157725
     -0.3917091044
     -0.1189062015
     -0.3361455400
      0.3722145614
     -0.0718804068
     -0.4505031808
      0.3216291589
      0.5651145617
      0.0218680472
      0.1209575808
      0.1845359053
     -0.1830646771
     -0.0945774280
     -0.2629059326
      0.1636401258
     -0.4045397085
     -0.2467740731
      0.2141481542
     -0.2399930346
     -0.3289731049
      0.8701698515
     -0.0844945921
      0.3387962265
     -0.0855230430
      0.4169924426
     -0.0542826568
     -0.0352373682
      0.3672912741
     -0.3263455124
     -0.2004972659
      0.2030036728
      0.0760741904
     -0.0727379784
      0.2269230865
     -0.2309799068
      0.2162269116
      0.0169890380
      0.2082229289
      0.0150984044
     -0.3050967210
     -0.1139221857
      0.0752658555
     -0.1671477967
     -0.1711331823
      0.0132473408
      0.1440691960
     -0.2263124274
     -0.3880976231
      0.2665139239
      0.0278307049
     -0.0109721876
     -0.2031619903
      0.2385143286
      0.2163133355
      0.1469962956
     -0.0999250262
     -0.0555853548
     -0.1268923958
     -0.0695518936
      0.1004085381
     -0.1110715929
     -0.2117584598
     -0.2064136305
      0.2170635149
      0.2329086310
      0.1625444353
     -0.0381192893
      0.0747281459
     -0.2018980232
     -0.2224187950
      0.0907454723
      0.1875123747
     -0.0703506379
      0.2176756135
     -0.2946450061
      0.2886506851
     -0.0950937443
      0.1794021312
      0.0056839400
      0.1152325915
     -0.1369740175
      0.1732819523
      0.0269344868
     -0.4892830831
      0.4207679321
      0.2566678593
      0.0325589074
     -0.1356660008
      0.1642947569
      0.2727918723
      0.0917591725
      0.0466886118
     -0.6084413446
      0.1540716950
      0.1627501328
     -0.3257328938
     -0.3626067111
     -0.1641177901
      0.0522492982
      0.1523565301
     -0.2574208410
      0.0958280627
      0.4174625277
      0.0846024149
     -0.1839770937
     -0.0226506597
      0.0876529201
     -0.1126151249
     -0.3507622916
     -0.2030617134
     -0.1160705187
      0.2648771052
     -0.0721119318
      0.2291931527
      0.1000397189
      0.0774663905
      0.5066637624
      0.1455321334
     -0.0877917190
     -0.0811888487
      0.2347573157
     -0.0574939044
     -0.1296135481
     -0.0642549370
      0.1636720409
      0.1359141991
      0.3847968513
     -0.2910407520
      0.2290890895
     -0.0591026998
     -0.0151796573
      0.1413187300
     -0.5945214778
      0.0047362885
     -0.1087837869
      0.1835865039
     -0.0753260558
      0.0798861608
     -0.0539567216
     -0.1738537969
      0.2520375135
      0.2395595364
      0.1949424795
      0.1719708789
      0.2272422997
      0.0609754074
      0.0349586227
      0.0786355648
      0.1836175568
      0.0656451611
      0.2948978447
      0.1412545589
      0.1851939511
      0.1495372483
     -0.0236232012
      0.1461205896
     -0.2564297412
     -0.1490937431
      0.0533926854
      0.2023063652
      0.0714812284
      0.0097070985
      0.0094887109
      0.2026804052
      0.2528617914
     -0.1533800826
      0.2692359206
     -0.1786803883
     -0.2729370528
      0.2600796313
     -0.1962622605
     -0.2082120079
      0.0088342091
     -0.1684853276
     -0.0957438843
      0.2373950764
     -0.1397453497
     -0.3263015905
     -0.2142016675
     -0.0225883261
      0.0504634136
      0.3043210454
      0.2241590587
      0.1684233171
      0.0734890247
      0.0992337037
      0.1290532202
     -0.1350593633
      0.0966793952
      0.3376789768
     -0.2126032759
     -0.2169210028
      0.3163887843
     -0.2708305583
     -0.0586145985
     -0.2259753732
     -0.1853888505
     -0.0798006550
     -0.2092667860
      0.3006662634
     -0.1342766044
     -0.0976350551
     -0.1308348094
     -0.1650951686
      0.2525210009
      0.1641576849
      0.0953756707
      0.1052491701
     -0.3189666607
      0.2635730221
      0.1686313503
     -0.2200658395
     -0.2392502330
      0.2034117366
      0.1272431251
     -0.3527506233
     -0.2505485774
     -0.2802706305
     -0.2041147845
      0.0778874071
      0.2751208137
     -0.0472762076
     -0.2676283520
     -0.1460255810
      0.0978456784
     -0.1331103172
      0.1723251408
     -0.1126732374
     -0.3773139856
     -0.0672571369
      0.0418997464
      0.0359087455
     -0.1016500566
      0.1763936346
      0.0844979453
      0.2477424378
      0.2558084990
     -0.0092155388
      0.1099076776
     -0.1717515247
     -0.0700793708
      0.1490505082
     -0.1874973942
     -0.1285638994
      0.0911914676
      0.1470632879
     -0.2865426219
      0.0537533950
     -0.0195409981
      0.1161082325
      0.4153609483
      0.1484744102
     -0.0353348256
     -0.3132332888
     -0.1514169166
     -0.2495515214
      0.2641230560
      0.2065985386
     -0.2336973480
      0.0944696152
     -0.1332077468
     -0.1913799571
      0.2665351506
      0.3166320578
      0.0607396144
     -0.1266803218
      0.1324137731
     -0.0899208238
      0.1664810087
     -0.2019933654
      0.2903604378
     -0.2475993512
      0.0222318129
     -0.0858379861
      0.4811152248
      0.6098992194
     -0.4636903492
      0.0848402522
      0.3400538878
     -0.0704700620
     -0.1383772584
      0.2112712910
      0.1778849393
     -0.1202495991
      0.6362517282
      0.2200162136
     -0.2093432676
      0.8236380464
     -0.0712062584
     -0.2558299944
      0.0629133265
     -0.0892169228
     -0.1871730244
      0.1223127627
     -0.3135641675
      0.2951509115
      0.0570242160
     -0.2457340442
     -0.2065709215
      0.3278450189
     -0.0712190702
     -0.2134386191
      0.2178922269
     -0.1893904302
      0.1832342226
     -0.1724917434
     -0.3897625058
      0.1928354264
     -0.2736364768
     -0.1010473182
      0.1606163356
      0.4099341551
      0.0617015341
      0.1742101540
      0.1135046831
      0.2852628503
      0.2468632447
      0.0761436650
     -0.0682664609
      0.0401940443
      0.2716185772
      0.3211059306
     -0.0733068557
      0.1202159127
     -0.1161217456
      0.1062855464
     -0.2198742648
      0.0178497910
      0.2874458284
      0.1691578650
     -0.2624204614
      0.2556084052
     -0.0691841060
      0.0311813089
      0.0078614324
      0.1423614007
      0.1242465801
      0.0748715302
     -0.0628728799
      0.1808775142
      0.0713599976
      0.4048756019
     -0.5112385383
     -0.4053616088
      0.3291989694
      0.1617178707
      0.1133999172
     -0.3361174485
      0.0144682520
     -0.0047973573
      0.3933617093
      0.2165381626
      0.1729333169
      0.2976059258
      0.2482411435
     -0.0461805649
      0.2605107674
     -1.1022576836
      0.3185875612
     -0.5711896178
     -0.1717010986
      0.0623717865
     -0.0717111290
     -0.2653535469
      0.1515033567
     -0.1462972665
     -0.0518509739
     -0.0069914874
      0.2995956453
      0.0909622187
     -0.0756798933
      0.1452612315
      0.0208870858
     -0.2247979701
      0.0915684959
      0.2912705955
     -0.0748784688
     -0.1858846724
      0.1926138175
      0.1575854568
      0.2239234303
     -0.1592764262
      0.2540399538
     -0.1387288429
     -0.1320526548
     -0.2852466220
      0.1050638751
     -0.1290272093
     -0.2235270397
     -0.0754788385
     -0.4147416462
      0.1447760738
     -0.4261274884
      0.0674709458
      0.1787426534
     -0.9485065872
      1.4719632670
      0.1638322529
     -0.2479935886
     -0.0258800213
     -0.0124262388
      0.0952171710
     -0.3349676457
     -0.2181810585
     -0.1522082170
      0.2492753491
      0.1915812913
     -0.3122006637
      0.1548204736
     -0.2924765535
     -0.1814395349
     -0.3351411093
     -0.2603134196
     -0.0343159958
     -0.0705506769
     -0.2163196327
      0.0964009698
     -0.3031299919
     -0.6160799510
     -0.8790807589
      0.3152725015
      0.1545932199
     -0.0134977316
     -0.2999582308
      0.0877612717
     -0.0658476689
      0.7113123769
     -0.1247861664
     -0.7595112715
      0.4451955706
      0.0655192104
     -0.4546603042
     -0.2055777619
     -0.1726932287
      0.0244610196
      1.2032913510
      0.2227580409
      0.2771678899
      0.6378073467
     -0.3499225289
      0.0497574492
     -0.0830530465
      0.1386729151
      1.2371011504
     -2.2341747735
      0.2729613534
      0.1873829224
      0.1646204394
     -0.0614801417
     -0.1663520709
      0.6811571529
     -0.1705093188
      1.1410575614
     -0.5154200273
      0.0015507147
      1.4171177888
     -0.3160847768
      0.3018153591
      0.1828342822
      0.3779062813
      0.0260075757
      0.0716295493
      0.2389051254
      0.1745915141
      0.1855995966
     -0.1313198337
     -0.3036715023
      0.0140034867
     -0.1115480270
      0.1374945299
      0.1325800404
      0.0029459509
      0.3143271976
      0.0750465896
     -0.0896652975
      0.1581951045
     -0.3189462945
     -0.2554846794
     -0.2705863150
     -0.0101120949
      0.2455290642
      0.2636481947
     -0.1908327785
      0.1793155134
      0.0581010894
     -0.1204758616
     -0.0774912738
      0.0871519906
     -0.1879716812
     -0.0957720792
      0.2273209639
     -0.0155674021
      0.2401784576
     -0.1171446511
     -0.2755615700
      0.2628720049
     -0.1848260522
      0.2686529252
     -0.2394537510
     -0.0766020760
     -0.2957183270
      0.0055871543
     -0.2630729136
      0.0335093294
     -0.1421101713
     -0.0152058401
      0.2452807600
      0.0893358322
     -0.1516605415
      0.1305957602
      0.3400385019
      0.3114085054
     -0.1253081847
      0.0269639542
     -0.2249562229
      0.6999709436
     -0.6685619557
      0.3348247475
     -0.2708874069
      0.2540634117
      0.2921924523
      0.2875626516
      0.0669628559
      0.2763762729
      0.0722197347
     -0.0398666664
     -0.1612923312
      0.3871186958
     -0.2634492417
      0.0719190879
      0.2432477568
     -0.1900372666
     -0.0282991775
      0.1036606272
     -0.0247540939
     -0.0297954288
      0.0232933561
      0.3020181844
     -0.2456141050
     -0.5516265859
      0.6769324464
      0.2858398146
      0.1434161911
      0.2486340572
      0.1423995902
      0.0526021528
      0.3347840270
      0.3114005065
     -0.1049375990
     -0.0609721535
      0.0299747993
     -0.6120726024
      0.2921769262
      0.1374385932
     -0.1575718175
     -0.0347532957
     -0.1456320380
      0.1165034407
     -0.3272290087
      0.0511401736
      0.1843563774
     -0.0355006123
     -0.1314657203
      0.1467908258
      0.0909161411
      0.0394451106
      0.1911225782
     -0.1958315284
      0.1080396586
     -0.1546666417
      0.3225101241
     -0.1023836486
      0.1209030210
      0.1953629846
      0.0788229560
     -0.2482414281
     -0.1546749764
      0.1462622255
      0.0716080860
      0.0399411208
     -0.0621136057
      0.3310327692
      0.3550170485
      0.1206682162
     -0.2683595924
      0.1613521181
      0.1055496358
      0.9003894488
     -0.0084671401
      0.0944244904
     -0.0280931214
      0.1766165894
     -0.1529085262
     -0.1510562657
      0.4516896958
     -0.0250946273
      0.7281202800
      0.0799667079
     -0.0996013260
      0.2709251090
     -0.1153889301
     -0.2590682963
      0.1718876588
     -0.3421228126
      0.2630724006
     -0.1672941030
      1.0801739498
      0.2124925306
      0.0020361289
     -0.0285688435
      0.4605762505
      1.0443689447
     -1.4143794892
     -0.1923817689
      0.5259553477
      0.0802732166
      0.3254780619
     -0.1511161360
      0.2541772038
      0.0308421668
      1.7220172573
      0.1114178949
      0.1568920868
      1.2644419192
      0.2793321418
     -0.2071925675
      0.3785059801
     -0.2433884435
      0.2069734422
      0.0637281020
      1.1509531899
     -0.0325704963
      0.1438369818
     -0.1018119040
     -0.3515877320
      2.0981588247
     -4.2427880096
     -0.0836582854
      0.6861738229
     -0.0555028801
     -0.3194211212
      0.3282080994
      0.8380728888
     -0.0836981316
      1.3859823232
      0.0302045463
     -0.1850663415
      1.8089417526
     -0.1758464580
      0.2304892639
     -0.0255347234
      1.2660396051
      0.2754651463
      0.2563007475
      0.0090856064
      0.0209653456
      0.1541821555
     -0.2997950011
      0.2807768327
      0.0308641362
      0.2574157738
      0.0115029614
     -0.0900257190
      0.2738303595
     -0.3125989864
     -0.2484545753
     -0.2081080092
     -0.1445574111
     -0.3180495535
      0.1374445238
     -0.1873116196
      0.0419632107
      0.0715167830
     -0.1422180254
     -0.1106025157
     -0.2061759559
      0.2271285275
     -0.1171486210
     -0.0464359056
     -0.0190946224
     -0.2507630014
      0.2882875758
     -0.4226246573
     -0.0068647224
      0.2892928384
      0.3004097403
      0.2364495064
      0.1822371489
      0.2104502103
      0.0669655072
      0.0708137061
      0.0122718770
     -0.0028857185
      0.1924700308
      0.2665761790
      0.1116068606
     -0.1224789148
     -0.2257289779
     -0.1420385288
     -0.1370397271
      0.0064783905
      0.2890730648
      0.1218860572
      0.2749588178
     -0.0645161627
      0.0296598195
      0.0339342958
      0.5076963038
     -0.8480645995
      0.1460626869
     -0.2748532993
     -0.1622387322
      0.0198253857
     -0.2113827081
      0.4106995794
     -0.2927631513
      0.7743100426
      0.1846820440
     -0.1437152289
      0.3592114883
     -0.2283480550
     -0.2268332639
      0.0176376292
     -0.2535573531
     -0.1948766605
      0.2360060212
     -0.0079088909
     -0.0495857318
     -0.1371671030
     -0.2410573115
      0.2035032457
      0.3751254797
     -0.0733956252
      0.2435665873
     -0.1358595664
     -0.0964520470
      0.2393695554
      0.2600739111
      0.0197063750
      0.2252948855
      0.4178206038
      0.1173991351
     -0.1936161027
      0.4572882723
      0.3181567728
     -0.2658582730
      0.1017685123
     -0.0867955805
      0.2806645093
      0.1611118389
      0.1659976618
      0.0291961997
     -0.2363206799
      0.1596485447
      0.1095575192
     -0.0321425422
     -0.1359462083
      0.3216014800
      0.3010429467
     -0.0410331562
     -0.0037655245
     -0.0736284653
      0.2138167654
     -0.2189618284
      0.1420214975
     -0.1441599221
      0.1381004129
      0.1743512937
      0.1182733055
      0.0807917431
      0.1646485902
      0.0946950464
     -0.0192176797
      0.1736956647
     -0.3632561952
      0.0200771740
      0.2059097090
     -0.0155344937
     -0.4570378034
     -0.1701751538
      0.6997049887
      0.0440591892
      0.2590242002
     -0.1782125619
      0.0343878731
     -0.0020168109
      0.1904454868
      0.2339429643
     -0.3707730159
     -0.3177231449
      0.2535340624
     -0.7806024344
     -0.3896400515
      0.2405089725
     -0.0929164139
     -0.4781779592
     -0.1863735721
     -0.2639092867
      0.2745273306
      0.0139210635
     -0.2986776775
      0.2364356248
      0.2923035010
     -0.7969601179
     -0.1596362945
      0.2633586128
      0.2502424042
     -0.2514924233
     -0.0278323057
     -0.2811808590
      0.2725125888
     -0.0694649851
     -0.1731794686
      0.5593248314
      0.2685217727
     -0.5798634752
      0.1722109529
     -0.2393192306
      0.2862398768
      0.1736052168
      0.0603628369
      0.1787858554
      0.0869769635
     -0.0702575758
     -0.3025180830
     -0.2565508281
     -0.0090227950
     -0.2145518618
      0.2205755172
      0.0513291582
     -0.1888615461
      0.0562766017
     -0.3266196350
     -0.0350984711
      0.2176622400
     -0.0907368618
     -0.1278286025
      0.0902728137
     -0.0027033027
     -0.0976307418
      0.0427795158
      0.0532862114
      0.2537114188
      0.0712840644
     -0.2135413812
      0.9650270358
     -0.1268426657
     -0.7569657333
      1.3880115332
      0.6008874735
      0.1249698201
     -0.5944063117
     -0.2605312529
      0.6790337766
      1.1300364947
      1.3951922013
     -0.4880690625
     -1.0654517666
      0.6150402950
      0.9183758506
      0.3868311834
      0.1675789672
      1.3756969950
      0.2151594534
      0.1650033836
     -0.3494337677
     -0.1024343120
     -0.8845798139
     -1.3715948343
      0.3369585856
      0.4150570289
      0.3899521269
      0.1279614993
      0.0969137394
     -0.2961924366
      0.3173236147
      0.0484325715
     -0.5824644745
      1.0120377916
      0.5509846040
     -0.2062451113
      0.1969347576
      0.2037021338
      0.0189508800
      0.4860200243
     -0.1195276169
      0.3153803607
     -0.0845963370
     -0.3530757662
     -0.1235823488
      0.4351190249
     -0.1774346536
     -0.0494203335
      0.1126460177
     -0.2977950293
     -1.3801063387
     -0.3069813958
     -0.4808649325
      0.2174687319
     -0.2644122084
      0.2498758632
      0.4853272607
      0.4291887636
      0.2625076066
     -0.7981024988
     -0.5882596259
     -0.5297968172
      0.2146126974
      0.8838487015
     -0.0724317668
     -0.7059699061
      0.5056900316
     -0.2665421879
     -0.0513855026
     -0.4347639053
     -0.4297406911
      0.0333640209
     -0.1595485679
      0.1611920789
      0.6815178371
      0.8426401746
     -0.2808491561
     -0.5187360354
      0.1291393274
     -0.1221332163
     -0.2630848930
      0.1202736690
      0.2979314581
     -0.0886875534
      0.1894914439
      0.0836534967
     -0.1370857283
     -0.4779598670
      0.4579887407
      0.4582802447
      0.2653057983
     -0.4232826853
     -0.0123129188
      0.1427544093
      0.2952375663
     -0.7434725409
      0.2300157175
      0.2670260249
     -0.6945941273
      0.1083778622
     -0.3648789733
      0.1355232664
      0.3247751307
      0.1523417424
      0.2019602744
     -0.3185883109
     -0.7593885969
     -0.1335430179
     -0.4839275178
      0.4313118478
     -0.0649690926
      0.0221811896
     -0.2955751827
     -0.3740852083
     -0.6151755645
      0.6064437631
     -0.1855524271
      0.4788801436
      0.5356333971
     -0.2502874543
     -0.2484570270
      0.6551815811
      1.1267905560
      0.0466284941
     -0.5449775244
      0.1410502131
     -0.7595723894
     -0.4742985126
     -0.0600567034
      0.0024362317
      0.5118185408
     -0.0402541910
     -0.5089907038
     -0.2664698602
      0.8387675551
      0.3972137842
     -0.1526033841
      0.0560863389
     -0.4466308046
     -0.0620269045
      0.5851042406
     -0.0924295698
      0.3694776726
     -0.4559106041
     -0.4761513203
     -0.1795844036
      0.2614231725
     -0.2222047279
     -0.6834570305
     -0.3409545900
      0.4566994713
      0.0356201914
      0.0740006919
      0.0771298334
     -0.2719126661
     -0.4923410243
     -0.7115667143
     -1.1313911025
      0.4477095486
      0.3241270261
      0.0980772104
      0.0925105846
     -0.0824923601
      0.6804144992
      0.5128985956
     -0.6044179807
     -0.1321243782
     -0.4515215956
      0.4884334378
     -0.3845361403
     -1.0636448207
      0.5527904478
     -0.2748536421
     -0.6739365443
     -0.5713079078
     -0.1458134425
     -0.3118062788
      0.8948050262
      0.9165639012
     -1.1875247756
     -0.9517232461
     -1.4494031177
      0.4302776778
      0.1659823190
      0.5323453685
     -0.0014943228
     -0.2628644309
     -0.0527671034
     -0.2067214343
     -0.4343587121
     -0.1441002317
      0.1889701070
     -0.7967781483
      0.2225532384
      0.9640931957
      0.8576063107
      0.2754902626
      0.2035768478
      0.7018528574
      0.4117850840
      0.3571707463
     -0.9815585907
     -0.2097085411
      1.7749633697
      0.4476043722
      1.3229651382
     -0.6757450424
     -0.2454851946
     -0.3009434299
     -0.2418528383
     -0.2764610756
      1.2232351750
     -0.3386483500
     -0.7991929315
      0.5541712096
     -0.5885705050
      0.3030245252
     -0.2519587269
      0.0928467945
      0.6186475947
      0.6484700944
     -0.7412165626
     -0.0066074172
      0.2614564626
      0.1655319183
      0.2002769522
     -0.1538144478
     -0.2319322120
      0.5382460345
      0.5725098799
     -0.4296272399
     -0.6644775940
     -0.5408593903
     -0.2705643716
     -0.4196976811
      0.2829698701
     -0.4784171137
      0.0773703743
     -0.4056997677
      0.0582160207
     -0.4843707684
     -0.8284665304
     -0.4536158964
      0.2669586921
     -0.6113081104
      0.1134686091
      0.7075144391
     -0.4430926210
     -0.3705779949
      0.1555289882
     -0.2785002026
     -0.1458228026
      0.4196652022
     -0.4541922899
      0.2980290287
      0.6042929406
     -0.2973418530
     -0.2296313123
      0.1324377819
     -0.3868351892
     -0.3292472243
      0.6121440951
     -0.4147723629
     -0.4881521492
     -0.0268723436
      0.2870173358
     -0.6161624496
     -0.2069709735
      0.2910611417
      0.2769060664
      0.7556400206
      0.5349066204
     -0.2322654612
      0.3280939250
     -0.0682061205
     -0.0214985150
      0.4635923581
      0.5002395654
     -0.1747818256
      0.4814267650
     -0.0522070360
     -0.6366004980
      0.0574076375
      0.9650103540
     -0.0013663093
     -0.7214284642
      0.6587127724
      0.5218760478
      0.2766908757
     -0.4307700392
      0.3520347041
     -0.0975400022
      0.2999252938
      0.4432068541
     -0.0626236786
      0.1583357274
     -0.1831070771
      0.5468495799
      0.2107353351
      0.1149079762
      0.5557880452
      0.0983820615
      0.4971064973
      0.0309559508
      0.2367829422
     -0.2099815228
     -0.0114854308
     -0.1000378254
     -0.1724339620
     -0.1093370036
      0.3101000226
      0.2831607449
      0.1259158888
      0.4768449257
     -0.6162744371
     -0.5305603898
     -0.2769123112
     -0.4592002738
     -0.3713875608
      0.6765325710
     -0.0932109761
     -0.6481463663
     -0.4832014812
     -0.6966327746
      0.3595118536
      0.0854657771
     -0.2862642962
      0.0090545304
      0.5493442009
     -0.3887563093
      0.6455350980
     -0.1946922785
      0.5095610522
      0.2857186551
     -0.0504094630
     -0.4704663858
     -0.5597689236
      0.7926317025
     -0.3433382267
     -0.7407791284
      0.4684450101
     -0.5090774498
     -0.4428570992
      0.7321215279
     -0.0752511085
     -0.2330219156
     -0.3689740502
     -0.4620462097
     -0.0097726783
     -0.4721211507
      0.5311295437
      0.4987503770
      0.5210322772
     -0.6337424571
     -0.2728699184
      0.1395097215
      0.3954134920
     -0.1427205698
      0.4606164495
      0.0106336490
     -0.0333918791
     -0.2419840733
     -0.4713487991
      0.3025162076
      0.0089105503
      0.0132173880
      0.2423033144
      0.0317625910
     -0.3794750849
     -0.5894494858
     -0.0912698785
      0.6487075141
     -0.2667642505
      0.2466035117
      0.2577111562
      0.4801923569
     -0.1379682886
     -0.0476423887
      0.0564360013
     -0.1750544538
     -0.4744562784
     -0.4752573832
      0.3455064372
     -0.1740968195
      0.8102803755
     -0.3001422155
     -0.5148671635
     -1.0032364609
     -0.2470603490
     -0.3117716220
     -0.5464349241
     -0.2380930250
     -0.6555806168
      1.2381312043
      0.1368939923
     -0.3096887631
      0.6980047541
     -2.3328334164
      0.5944996392
     -0.2404831161
     -0.1977263712
      0.5518232356
     -0.8386079873
      0.2803119297
     -0.0105417934
     -0.4512982446
      0.2192360579
     -0.3619146710
      0.0496151268
      0.4716662019
      0.8280790686
     -0.2769182493
      0.4133067351
     -0.2843773536
     -0.5016286692
     -0.0399690951
      0.8501972250
     -0.1221156901
      0.2647011684
     -0.2170230196
     -1.1078416621
      0.0776149007
     -0.2823921608
     -0.9069565273
     -0.3341109067
     -0.1840349231
     -0.3844492036
     -0.2813839167
      0.0462828815
     -0.3039289722
      0.1639681772
      0.3170364053
     -0.6801477757
      0.0024523830
      0.4090098767
     -0.3629630637
      0.1265883322
     -0.2141240045
      0.0639320828
     -0.8051165046
     -0.6111444356
     -0.3200520023
     -0.3544943927
      0.5733271323
     -0.5137400657
      0.1705418623
      0.1439011217
     -0.1450264076
     -0.1748840075
      0.0696852806
      0.0006128111
     -0.0425860783
      0.2216756859
     -0.5217336280
      0.3857764176
      0.1913048482
      0.3803999724
     -1.0776688792
     -0.8387566028
     -0.5220005531
      0.1560813274
     -0.3067417454
      0.4504885705
     -0.6374477349
     -0.0540968345
     -0.8142948447
      0.3910473036
     -0.5217815500
      0.2575634497
     -0.6397814217
      1.1170495081
      0.1847781297
     -0.1429934924
     -0.6095602037
     -0.6335311503
      0.0984435542
     -0.3455296574
      0.3167474926
      0.2252021720
     -0.3599738537
      0.6652508461
     -0.0377107865
      0.2300199200
     -0.3631747458
      0.4897078110
     -0.2289026605
     -0.0137167520
     -0.2044169615
     -0.0011739128
      0.0522467610
      0.2059288764
      0.6660621327
     -0.4133631833
     -0.6940963896
      1.1293245062
      0.3088772121
     -0.5833395946
     -0.3374856601
     -0.1014207869
      0.2433769017
     -0.6503259473
     -0.2369892492
     -0.4931298813
      0.2324251333
      0.5558289592
      0.1130550253
     -0.2714849306
     -0.0014788869
      0.0111078987
     -0.3539858653
     -0.2435898791
      0.7714326343
     -0.0624985365
      0.2972038594
     -0.3866586830
     -0.0308611820
      0.0898158167
     -0.4413627603
     -0.3683384379
     -0.2447741813
      0.1590881462
     -0.0793420383
      0.3823332709
     -0.4962864319
      0.3929180055
      0.2292414841
     -0.3777883750
     -0.1148277741
      0.3145729389
      0.5310790594
     -0.3459817832
      0.8764167405
     -0.9318514289
     -0.7427644557
      0.8209067616
     -0.6076234447
     -0.0776939039
     -0.5516779093
     -0.1018078772
      0.0102803630
      0.6494075116
     -0.4749764652
      0.7172518654
     -0.2939220260
     -0.5433576311
      0.3976799160
     -0.6090465382
     -0.5617572382
     -0.0911418176
     -0.1842100998
      0.3700988154
     -0.4899574870
     -0.9599937895
     -0.2931077125
     -0.3957311881
     -0.2532742860
     -0.2049573449
      0.2934805319
      0.3849270447
      0.5036465844
      0.1855642837
      1.0270962903
     -0.2447125071
      0.0158491542
      0.7600661751
      0.0807565083
     -0.9335539873
      0.2788846688
      0.4508092133
     -0.2270374223
     -0.1367476778
     -0.0567104077
     -0.9070422590
     -0.4482963006
     -0.1876391028
      0.4883790924
     -0.1383838052
      0.0960367133
     -0.6445314517
      0.2041493531
      0.2059827989
     -0.3110026738
     -0.5710937069
     -0.3933834094
     -0.1777589572
     -0.0768640485
     -0.6518461147
     -0.1322671555
      0.0105294224
      0.1285488595
     -0.2181864479
      0.5241752246
      0.0453500830
     -0.1816026067
      0.6134348337
      0.1712614373
     -0.3665923127
      0.4670462492
     -0.2446506532
     -0.2193879540
     -0.9453404359
      0.9634341186
     -1.1504484660
      1.5181643193
      1.1062556444
     -0.1103361907
     -0.4742107434
      0.4484990145
      1.4291959293
     -0.1001614358
      1.5480967368
     -1.1011622711
     -1.1158779161
     -0.9567439604
     -1.3542074110
     -0.6235677031
     -1.4555012313
      1.2910632144
     -0.3727585687
      0.8672298212
      0.0548253575
      1.0660008378
     -1.1676796818
      0.2985352107
      0.2032209140
      0.1691731110
      0.0414343375
     -0.0434822267
     -0.0085602185
     -0.0795170117
     -0.1131767097
     -0.0734804601
      0.0575692980
     -0.1240683462
     -0.1058903749
      0.3233751670
     -0.1708949382
      0.3785856688
     -0.2239449400
      0.1491166481
      0.0767357500
      0.0406684029
     -0.0631591355
      0.1880130891
      0.0028786277
     -0.0884431671
     -0.0076607439
      0.0172860420
      0.2490888327
