################################################################################
# Neural network connection values (weights and biases).
################################################################################
# Col  Name       Description
################################################################################
# 1    connection Neural network connection value.
# 2    t          Connection type (a = weight, b = bias).
# 3    index      Index enumerating weights.
# 4    l_s        Starting point layer (end point layer for biases).
# 5    n_s        Starting point neuron in starting layer (end point neuron for biases).
# 6    l_e        End point layer.
# 7    n_e        End point neuron in end layer.
################################################################################
#                      1 2         3     4     5     6     7
#             connection t     index   l_s   n_s   l_e   n_e
############################################################
 -6.7157800121768063E-01 a         1     0     1     1     1
 -1.5108328352207097E+00 a         2     0     1     1     2
 -2.1743467837979229E+00 a         3     0     1     1     3
 -1.2889108370324940E+00 a         4     0     1     1     4
  2.1639160616126136E+00 a         5     0     1     1     5
  1.0854756408936785E+00 a         6     0     1     1     6
  1.5967743231733775E+00 a         7     0     1     1     7
  2.4319264231461952E+00 a         8     0     1     1     8
 -1.2694376037072868E+00 a         9     0     1     1     9
 -4.7556607944996081E+00 a        10     0     1     1    10
  6.3481720854044283E+00 a        11     0     1     1    11
  4.5323213768734488E-01 a        12     0     1     1    12
  3.6120134579745016E+00 a        13     0     1     1    13
  5.1539526869517349E+00 a        14     0     1     1    14
 -3.0560585845534405E+00 a        15     0     1     1    15
  4.8918134656981032E+00 a        16     0     1     1    16
  3.9524660882453784E+00 a        17     0     2     1     1
 -2.9890836775293570E+00 a        18     0     2     1     2
  1.2536458787381599E+00 a        19     0     2     1     3
 -6.2921561996733351E+00 a        20     0     2     1     4
  4.0118350757298256E+00 a        21     0     2     1     5
  1.5594050845191207E+00 a        22     0     2     1     6
  1.1448847065743031E+00 a        23     0     2     1     7
  1.3909481982512246E+00 a        24     0     2     1     8
  2.2379594963546845E+00 a        25     0     2     1     9
 -1.1823877744279605E+00 a        26     0     2     1    10
  2.2241991117233035E+00 a        27     0     2     1    11
  4.1501543580918030E+00 a        28     0     2     1    12
  5.2559312337163044E+00 a        29     0     2     1    13
 -4.1629390982401073E+00 a        30     0     2     1    14
 -1.4833245138843405E+00 a        31     0     2     1    15
  4.8842878611957232E+00 a        32     0     2     1    16
  5.6922754645601366E+00 a        33     0     3     1     1
 -3.5046846301447423E+00 a        34     0     3     1     2
 -1.3799649140474881E+00 a        35     0     3     1     3
  2.8745667905497823E+00 a        36     0     3     1     4
 -6.0423150171418172E-01 a        37     0     3     1     5
  6.6974116183821197E-01 a        38     0     3     1     6
  3.3071144108868367E-01 a        39     0     3     1     7
 -3.5442696572553132E+00 a        40     0     3     1     8
 -2.4757973055791598E+00 a        41     0     3     1     9
 -2.8697245013637560E+00 a        42     0     3     1    10
 -2.5010155579213258E+00 a        43     0     3     1    11
 -3.3733550182042249E+00 a        44     0     3     1    12
  4.6168381995743584E+00 a        45     0     3     1    13
  4.5957200260127911E+00 a        46     0     3     1    14
  1.4681447498007834E+00 a        47     0     3     1    15
  1.8430827963317802E+00 a        48     0     3     1    16
 -2.7737677529597176E+00 a        49     0     4     1     1
 -1.6275056781663122E+00 a        50     0     4     1     2
  2.5191646392333711E-01 a        51     0     4     1     3
 -1.1046133149689477E+00 a        52     0     4     1     4
 -6.9295956477427512E-01 a        53     0     4     1     5
  1.1577364457345821E-02 a        54     0     4     1     6
 -9.2689982577676344E-01 a        55     0     4     1     7
  1.8440159025679741E+00 a        56     0     4     1     8
  4.0945129121801314E+00 a        57     0     4     1     9
  3.1455210824648185E+00 a        58     0     4     1    10
 -9.4764158023852971E+00 a        59     0     4     1    11
 -1.6517092095089514E-01 a        60     0     4     1    12
 -7.5722013750961477E+00 a        61     0     4     1    13
 -4.8937613872446830E+00 a        62     0     4     1    14
  2.7972489447436932E+00 a        63     0     4     1    15
 -2.3844803278019211E+00 a        64     0     4     1    16
 -4.2399833221431313E+00 a        65     0     5     1     1
  4.3965828766492043E+00 a        66     0     5     1     2
 -2.4401934180611597E+00 a        67     0     5     1     3
  7.6900953877282854E+00 a        68     0     5     1     4
 -3.5421962508174447E+00 a        69     0     5     1     5
 -1.2040484126249027E+00 a        70     0     5     1     6
  9.2801046818191013E-01 a        71     0     5     1     7
  6.7817380218911385E+00 a        72     0     5     1     8
 -2.5100396798302489E+00 a        73     0     5     1     9
  3.4083773170133025E+00 a        74     0     5     1    10
 -2.0207095269891924E+00 a        75     0     5     1    11
 -4.9533657845168770E+00 a        76     0     5     1    12
 -2.5852479287114059E+00 a        77     0     5     1    13
  4.9036343746784299E+00 a        78     0     5     1    14
  2.1106515413582629E+00 a        79     0     5     1    15
 -6.6549538616310659E+00 a        80     0     5     1    16
  1.5059099385232613E+00 a        81     0     6     1     1
  9.3264184284857377E-01 a        82     0     6     1     2
  5.7480028394637972E-01 a        83     0     6     1     3
  5.0448634584501462E-01 a        84     0     6     1     4
 -7.4731957312493680E-01 a        85     0     6     1     5
 -5.6954061105615816E-01 a        86     0     6     1     6
  8.3105065318234150E-01 a        87     0     6     1     7
 -4.2450523288626851E-01 a        88     0     6     1     8
 -1.5531484072373207E+00 a        89     0     6     1     9
  3.0423824543330497E-01 a        90     0     6     1    10
  2.8465482087688057E+00 a        91     0     6     1    11
  2.6644254467170359E-01 a        92     0     6     1    12
  3.1183500983689738E+00 a        93     0     6     1    13
  5.9244102307466595E-01 a        94     0     6     1    14
 -8.0125864762275001E-01 a        95     0     6     1    15
  4.9892270302082382E-02 a        96     0     6     1    16
 -3.2848446791491988E+00 a        97     0     7     1     1
  2.6273235253554410E+00 a        98     0     7     1     2
  1.4440831034610706E+00 a        99     0     7     1     3
 -3.0597762681610002E-01 a       100     0     7     1     4
  6.5387521312354446E-01 a       101     0     7     1     5
 -6.9934455442177168E-01 a       102     0     7     1     6
 -3.9240139696932114E-01 a       103     0     7     1     7
  9.7962105574023928E-01 a       104     0     7     1     8
  6.1685040560067839E-01 a       105     0     7     1     9
  2.5674263371294810E+00 a       106     0     7     1    10
  4.7016458599070571E-01 a       107     0     7     1    11
  1.5777301945849938E+00 a       108     0     7     1    12
 -9.6119377025453479E-01 a       109     0     7     1    13
 -1.1391121747861606E+00 a       110     0     7     1    14
 -7.0916859367790863E-01 a       111     0     7     1    15
 -7.0961451988643764E-01 a       112     0     7     1    16
 -1.8711286857180192E+00 a       113     0     8     1     1
 -5.4500732622721815E+00 a       114     0     8     1     2
 -8.0845648597558373E-01 a       115     0     8     1     3
 -5.2369141567149207E+00 a       116     0     8     1     4
  4.8456085806087468E-01 a       117     0     8     1     5
 -2.4287414369247324E+00 a       118     0     8     1     6
  3.9673094719699625E-02 a       119     0     8     1     7
 -9.8765765845132858E+00 a       120     0     8     1     8
 -3.9588919736105926E-01 a       121     0     8     1     9
 -3.1763252769172179E-01 a       122     0     8     1    10
 -6.6705695891158923E-01 a       123     0     8     1    11
  4.0246857564613929E+00 a       124     0     8     1    12
 -2.7393029542069369E+00 a       125     0     8     1    13
 -3.4348431165852777E+00 a       126     0     8     1    14
 -1.4329848950721740E+00 a       127     0     8     1    15
  4.9692253375709212E+00 a       128     0     8     1    16
  4.5907363415080260E+00 a       129     0     9     1     1
  4.1105707815980637E+00 a       130     0     9     1     2
  4.6827683090543779E+00 a       131     0     9     1     3
  2.9025059883902755E+00 a       132     0     9     1     4
 -1.3277227718986937E+00 a       133     0     9     1     5
 -1.4175063882564978E-01 a       134     0     9     1     6
 -3.8138607899552026E+00 a       135     0     9     1     7
 -4.4713262973890133E+00 a       136     0     9     1     8
 -3.2259922565086976E+00 a       137     0     9     1     9
 -4.2044919185130863E-01 a       138     0     9     1    10
  8.5600649440249643E-02 a       139     0     9     1    11
  6.0251694413644614E+00 a       140     0     9     1    12
  7.9539886983990629E-02 a       141     0     9     1    13
 -1.6745274648870272E+00 a       142     0     9     1    14
  2.3352258186410872E+00 a       143     0     9     1    15
 -1.0799464306385895E+01 a       144     0     9     1    16
 -1.1936949819899170E+00 a       145     0    10     1     1
  6.3511366668054929E+00 a       146     0    10     1     2
  4.5388053691675809E+00 a       147     0    10     1     3
  6.5479944371296908E+00 a       148     0    10     1     4
 -3.0698218445990455E+00 a       149     0    10     1     5
  2.5294533290181125E+00 a       150     0    10     1     6
 -1.8136226594090068E+00 a       151     0    10     1     7
 -5.3455005440997470E+00 a       152     0    10     1     8
  1.2656322274448395E+00 a       153     0    10     1     9
 -8.8087929734652111E+00 a       154     0    10     1    10
 -1.4827156639977297E+00 a       155     0    10     1    11
  1.7766147216726522E+00 a       156     0    10     1    12
 -3.9740620071844113E+00 a       157     0    10     1    13
 -2.4656303416539971E-01 a       158     0    10     1    14
  9.0383449422960993E-01 a       159     0    10     1    15
 -8.8288645690580552E+00 a       160     0    10     1    16
 -4.2303460483446798E-01 a       161     0    11     1     1
  7.0911779632863627E+00 a       162     0    11     1     2
 -4.9118929382379601E+00 a       163     0    11     1     3
  5.0428115287325666E+00 a       164     0    11     1     4
 -5.4688460277284188E+00 a       165     0    11     1     5
  1.2734826427629956E+01 a       166     0    11     1     6
  2.7693028222028779E+00 a       167     0    11     1     7
  3.2873196671159892E+00 a       168     0    11     1     8
  1.4466419391683445E+00 a       169     0    11     1     9
 -7.3128772700203104E+00 a       170     0    11     1    10
  3.1144304970605146E+00 a       171     0    11     1    11
  1.2539718717795802E+01 a       172     0    11     1    12
 -3.1115775668653343E+00 a       173     0    11     1    13
 -6.9055302800685210E+00 a       174     0    11     1    14
 -5.8303216412310928E+00 a       175     0    11     1    15
 -8.5242853319738447E+00 a       176     0    11     1    16
 -1.2281397414897478E+01 a       177     0    12     1     1
  1.7920076339066700E+01 a       178     0    12     1     2
 -1.3668865960176380E+01 a       179     0    12     1     3
 -3.7517121270723162E+00 a       180     0    12     1     4
  8.1120992721818332E+00 a       181     0    12     1     5
 -8.2556751726627287E+00 a       182     0    12     1     6
  1.9738780616211110E-01 a       183     0    12     1     7
 -2.6195382586100935E-01 a       184     0    12     1     8
  3.4288122338249654E+00 a       185     0    12     1     9
  5.1654739664879799E+00 a       186     0    12     1    10
  1.2448592394124049E+01 a       187     0    12     1    11
  1.0071146986584827E+01 a       188     0    12     1    12
 -4.9368026367895701E-01 a       189     0    12     1    13
 -7.7325260158237326E+00 a       190     0    12     1    14
  1.2929964527512766E+01 a       191     0    12     1    15
  8.3607864973639785E+00 a       192     0    12     1    16
  1.4837618351842312E+00 a       193     0    13     1     1
  4.9877213372238911E+00 a       194     0    13     1     2
  2.9345131609128710E+00 a       195     0    13     1     3
 -4.9122649964006921E+00 a       196     0    13     1     4
  3.0912713419012285E+00 a       197     0    13     1     5
 -2.4047445202050954E+00 a       198     0    13     1     6
  4.9365271433819080E+00 a       199     0    13     1     7
  3.5298307425072712E+00 a       200     0    13     1     8
 -3.5252920508395333E+00 a       201     0    13     1     9
 -7.5143972400896262E+00 a       202     0    13     1    10
  7.2316184959320040E-01 a       203     0    13     1    11
  2.1329523183758359E+00 a       204     0    13     1    12
  4.4942247801220887E+00 a       205     0    13     1    13
  4.2111052239225595E+00 a       206     0    13     1    14
 -1.8626654991327563E+00 a       207     0    13     1    15
 -1.7644018915127432E-01 a       208     0    13     1    16
  8.7933474441331345E+00 a       209     0    14     1     1
 -9.1340464901494141E+00 a       210     0    14     1     2
 -1.0793092137630245E+00 a       211     0    14     1     3
 -9.6045521730114078E+00 a       212     0    14     1     4
 -1.7024724800922766E+00 a       213     0    14     1     5
 -7.3067976060924289E-01 a       214     0    14     1     6
 -6.3156068261972553E-01 a       215     0    14     1     7
  7.5199019348899148E+00 a       216     0    14     1     8
 -9.5967083152547816E-02 a       217     0    14     1     9
 -1.9919223619947907E-01 a       218     0    14     1    10
  1.6347014845685046E+00 a       219     0    14     1    11
  3.0171982899346075E+00 a       220     0    14     1    12
  5.5142310292996273E+00 a       221     0    14     1    13
 -5.2865796769711020E+00 a       222     0    14     1    14
 -5.8888950688422899E+00 a       223     0    14     1    15
  3.8449319860251894E+00 a       224     0    14     1    16
 -2.5545729238111186E+01 a       225     0    15     1     1
  1.1096289584356768E+01 a       226     0    15     1     2
 -7.5574629847915746E+00 a       227     0    15     1     3
 -1.2931782634117335E+01 a       228     0    15     1     4
  1.3188601838215186E+01 a       229     0    15     1     5
  1.1092683940528720E+00 a       230     0    15     1     6
  1.7263314979289728E+00 a       231     0    15     1     7
 -8.2493115692518160E+00 a       232     0    15     1     8
 -1.0521166646090066E+01 a       233     0    15     1     9
  1.1562282581091313E+01 a       234     0    15     1    10
  1.1404125104279579E+01 a       235     0    15     1    11
  1.3014441396092090E+01 a       236     0    15     1    12
  6.7503560643810019E+00 a       237     0    15     1    13
 -1.0849317152085868E+01 a       238     0    15     1    14
  1.5052893875225276E+01 a       239     0    15     1    15
 -4.6160171473079723E+00 a       240     0    15     1    16
  1.0570997589123103E+00 a       241     0    16     1     1
 -2.6675790428720676E+00 a       242     0    16     1     2
 -1.1584545559349020E+00 a       243     0    16     1     3
 -3.7960690618599973E+00 a       244     0    16     1     4
 -3.1618062724105950E-01 a       245     0    16     1     5
  1.8190534665772415E+00 a       246     0    16     1     6
 -1.6102757687195881E+00 a       247     0    16     1     7
  1.7728923359623929E+00 a       248     0    16     1     8
 -1.3195536177276075E+00 a       249     0    16     1     9
  4.6945704953971140E-01 a       250     0    16     1    10
 -1.3215684081001253E+00 a       251     0    16     1    11
 -5.9980925675514762E-01 a       252     0    16     1    12
 -3.6546906227589121E-03 a       253     0    16     1    13
 -1.1876365470196033E+00 a       254     0    16     1    14
 -1.6089305023613334E+00 a       255     0    16     1    15
  1.3864088708962454E+00 a       256     0    16     1    16
  4.8391277198182037E+00 a       257     0    17     1     1
 -4.4753829342753146E+00 a       258     0    17     1     2
 -1.9804298245519973E+00 a       259     0    17     1     3
 -3.8716984573329083E+00 a       260     0    17     1     4
 -9.9801461793467161E-01 a       261     0    17     1     5
  1.3020322255204404E+00 a       262     0    17     1     6
  1.4255760302115215E+00 a       263     0    17     1     7
  4.6792649816523104E+00 a       264     0    17     1     8
 -2.5384880706527353E+00 a       265     0    17     1     9
  1.1720793104285490E+00 a       266     0    17     1    10
 -7.9792869656720655E-01 a       267     0    17     1    11
  1.8053508208510414E+00 a       268     0    17     1    12
  1.9741569965229055E+00 a       269     0    17     1    13
 -2.3809394071195347E+00 a       270     0    17     1    14
 -2.3157486647255032E+00 a       271     0    17     1    15
  2.8068449195354579E+00 a       272     0    17     1    16
  2.2555775972186529E+00 a       273     0    18     1     1
  3.5539571324262185E+00 a       274     0    18     1     2
  1.1807022582490214E+00 a       275     0    18     1     3
  2.8714459910899387E-01 a       276     0    18     1     4
  1.3367258395635733E+00 a       277     0    18     1     5
 -9.2838950412429022E-01 a       278     0    18     1     6
 -1.7600197340071733E-01 a       279     0    18     1     7
 -1.2018509558884873E-02 a       280     0    18     1     8
 -1.0617208101640569E+00 a       281     0    18     1     9
  8.8418339697532977E-01 a       282     0    18     1    10
  3.2020232215461464E+00 a       283     0    18     1    11
  1.2567265453648011E+00 a       284     0    18     1    12
  9.5432372360101436E-01 a       285     0    18     1    13
  2.3309221926281016E+00 a       286     0    18     1    14
  1.8375721190466896E+00 a       287     0    18     1    15
  2.1791580875544017E+00 a       288     0    18     1    16
  4.5231273580512410E-01 a       289     0    19     1     1
  7.2058037962821011E+00 a       290     0    19     1     2
 -8.5131982393314871E+00 a       291     0    19     1     3
  8.6706988942034735E-01 a       292     0    19     1     4
  8.4463629450149968E-01 a       293     0    19     1     5
 -1.3331577116297766E+00 a       294     0    19     1     6
  3.5695951274133244E+00 a       295     0    19     1     7
 -4.0395035205725778E+00 a       296     0    19     1     8
  3.0943821374617042E+00 a       297     0    19     1     9
  3.7954749627529933E+00 a       298     0    19     1    10
  4.9771230831555187E+00 a       299     0    19     1    11
 -7.0571379041263329E+00 a       300     0    19     1    12
 -1.0148986778224116E+00 a       301     0    19     1    13
 -4.5059684460944149E+00 a       302     0    19     1    14
  2.5539938691481781E+00 a       303     0    19     1    15
  3.9128022687827553E+00 a       304     0    19     1    16
 -5.5997495041525589E+00 a       305     0    20     1     1
  4.5574843794323092E+00 a       306     0    20     1     2
 -8.3571150465056725E+00 a       307     0    20     1     3
 -1.5371195439079126E+00 a       308     0    20     1     4
  6.3281271730165178E+00 a       309     0    20     1     5
 -1.5823205554395769E+00 a       310     0    20     1     6
 -4.7289719088505970E+00 a       311     0    20     1     7
 -2.8583726976894197E+00 a       312     0    20     1     8
 -5.5157455868608833E+00 a       313     0    20     1     9
  1.8339077706400964E+01 a       314     0    20     1    10
 -2.5600068207375766E+00 a       315     0    20     1    11
 -9.9851562884789331E+00 a       316     0    20     1    12
 -3.9254669601632060E+00 a       317     0    20     1    13
  7.7893455348363476E+00 a       318     0    20     1    14
  9.2461899373767782E+00 a       319     0    20     1    15
 -2.0075161605305372E+00 a       320     0    20     1    16
 -3.2249311926017143E+00 a       321     0    21     1     1
 -1.5301262572381289E+00 a       322     0    21     1     2
  1.2099403238734560E+01 a       323     0    21     1     3
 -1.1505970973592223E+01 a       324     0    21     1     4
  1.5561513216215772E+01 a       325     0    21     1     5
 -2.0129031771869208E+01 a       326     0    21     1     6
 -5.5808768405329587E+00 a       327     0    21     1     7
  6.2935086091541894E+00 a       328     0    21     1     8
 -5.9114487205777602E+00 a       329     0    21     1     9
  3.0239489508161366E+01 a       330     0    21     1    10
 -3.1816817595574469E+00 a       331     0    21     1    11
 -2.1840042903479340E+01 a       332     0    21     1    12
 -9.6209554685169074E+00 a       333     0    21     1    13
  4.3513257619744916E+00 a       334     0    21     1    14
  2.5223922531444547E+01 a       335     0    21     1    15
  1.1291720506869689E+01 a       336     0    21     1    16
 -9.7266972142178187E-01 a       337     0    22     1     1
 -1.6888774419098656E+00 a       338     0    22     1     2
  4.0599594623241613E+00 a       339     0    22     1     3
  7.0548047877078979E+00 a       340     0    22     1     4
 -3.6487463854737973E-01 a       341     0    22     1     5
 -1.6792426523861279E+00 a       342     0    22     1     6
 -1.6867209934051703E+00 a       343     0    22     1     7
 -1.8494169251831170E+00 a       344     0    22     1     8
  2.8973226721145456E-01 a       345     0    22     1     9
  1.1536458799166154E+00 a       346     0    22     1    10
  4.6098695761820006E+00 a       347     0    22     1    11
  1.8298232625747739E+00 a       348     0    22     1    12
  1.7328373112430739E+00 a       349     0    22     1    13
  2.7741888225798528E+00 a       350     0    22     1    14
  6.8648454936936565E-01 a       351     0    22     1    15
 -2.8328876583729969E+00 a       352     0    22     1    16
  6.0171668810287846E+00 a       353     0    23     1     1
 -1.5478100181781695E+01 a       354     0    23     1     2
  2.0331987304028285E+01 a       355     0    23     1     3
  1.4351798228907732E+01 a       356     0    23     1     4
 -8.4736273765418080E+00 a       357     0    23     1     5
  8.9982003411190323E+00 a       358     0    23     1     6
  1.6929224263408151E+00 a       359     0    23     1     7
 -5.1198586853191657E+00 a       360     0    23     1     8
  1.7201689745568098E+00 a       361     0    23     1     9
 -1.4681637025648174E+01 a       362     0    23     1    10
 -1.1582351263775790E+01 a       363     0    23     1    11
 -1.0090934472906458E+01 a       364     0    23     1    12
 -4.4223222387856059E-02 a       365     0    23     1    13
  1.0831790498523697E+01 a       366     0    23     1    14
 -1.4220406646337244E+01 a       367     0    23     1    15
 -9.9620292734390485E+00 a       368     0    23     1    16
  7.0059976244328119E+00 a       369     0    24     1     1
 -5.5479822647305914E+00 a       370     0    24     1     2
 -2.4393539034105114E+00 a       371     0    24     1     3
  1.1260338339429687E+01 a       372     0    24     1     4
 -1.2314149437433551E+01 a       373     0    24     1     5
  9.8293312763860818E+00 a       374     0    24     1     6
  3.0282087243622704E+00 a       375     0    24     1     7
  6.4709048627822197E-01 a       376     0    24     1     8
  7.3659250367543780E+00 a       377     0    24     1     9
 -1.4205267036019640E+01 a       378     0    24     1    10
 -3.1186600624957941E+00 a       379     0    24     1    11
  2.5993996896952183E+00 a       380     0    24     1    12
  1.8067637917591592E+00 a       381     0    24     1    13
 -1.6299709034620169E+00 a       382     0    24     1    14
 -1.5946170732644584E+01 a       383     0    24     1    15
 -4.9311592308295493E+00 a       384     0    24     1    16
  1.2661764438938996E+00 a       385     0    25     1     1
 -1.3053481946594305E+00 a       386     0    25     1     2
  8.7589960492843910E-01 a       387     0    25     1     3
 -3.1096413928534958E+00 a       388     0    25     1     4
 -1.6200481851329234E+00 a       389     0    25     1     5
  2.0958698297695757E+00 a       390     0    25     1     6
 -1.3862924877448530E+00 a       391     0    25     1     7
  2.5305952996225507E+00 a       392     0    25     1     8
 -1.1425087576498143E+00 a       393     0    25     1     9
  1.0814648960106870E+00 a       394     0    25     1    10
 -3.1717115033726269E+00 a       395     0    25     1    11
  4.3722639847418737E-01 a       396     0    25     1    12
 -2.1288879278854239E-01 a       397     0    25     1    13
 -2.4457240145796013E+00 a       398     0    25     1    14
 -7.8129335111783837E-01 a       399     0    25     1    15
  6.2913135199531478E-01 a       400     0    25     1    16
  3.3219398259132289E+00 a       401     0    26     1     1
  6.6992834117582334E-01 a       402     0    26     1     2
  1.2387612235739591E+00 a       403     0    26     1     3
 -2.3469329777364027E+00 a       404     0    26     1     4
 -9.7067103821443801E-01 a       405     0    26     1     5
  2.8792110126871724E+00 a       406     0    26     1     6
  1.1542791466017521E+00 a       407     0    26     1     7
  1.7859568254013374E+00 a       408     0    26     1     8
 -8.0529143107941015E-01 a       409     0    26     1     9
 -9.3627895239518877E-01 a       410     0    26     1    10
 -3.0303292751918471E+00 a       411     0    26     1    11
  1.8789029805791271E+00 a       412     0    26     1    12
  3.0085226618447802E-01 a       413     0    26     1    13
 -2.8165486484386539E+00 a       414     0    26     1    14
 -2.3244688511862593E-01 a       415     0    26     1    15
  2.4732371482975086E+00 a       416     0    26     1    16
  4.2300118444765902E+00 a       417     0    27     1     1
  4.9843207272941985E+00 a       418     0    27     1     2
  2.5991693694409523E+00 a       419     0    27     1     3
  1.7296212371698925E+00 a       420     0    27     1     4
 -3.7658633405057718E-01 a       421     0    27     1     5
  1.7641308913500686E+00 a       422     0    27     1     6
 -6.0764124380430495E-02 a       423     0    27     1     7
  1.1999850539104950E+00 a       424     0    27     1     8
  1.6360144113474808E+00 a       425     0    27     1     9
 -2.0586631456222348E+00 a       426     0    27     1    10
 -7.7377701598651349E-01 a       427     0    27     1    11
  2.0701640736100440E+00 a       428     0    27     1    12
 -1.0420166284720043E+00 a       429     0    27     1    13
  6.1760368500224283E-01 a       430     0    27     1    14
 -1.0127625619483422E+00 a       431     0    27     1    15
  3.2348565673937295E+00 a       432     0    27     1    16
 -2.2182373825001358E+00 a       433     0    28     1     1
  1.5340975736906706E+00 a       434     0    28     1     2
  6.4201180331025154E-01 a       435     0    28     1     3
  2.7560445446359383E+00 a       436     0    28     1     4
  8.2309380294039203E-01 a       437     0    28     1     5
 -1.8449187796184983E+00 a       438     0    28     1     6
  2.1724651597779627E+00 a       439     0    28     1     7
 -1.5703028912954857E+00 a       440     0    28     1     8
  1.2642804339182265E+00 a       441     0    28     1     9
 -2.3528436544816311E+00 a       442     0    28     1    10
 -1.0427396380067432E-01 a       443     0    28     1    11
  1.0118536769540698E+00 a       444     0    28     1    12
 -1.1658597200531268E-01 a       445     0    28     1    13
  2.8473121261036196E+00 a       446     0    28     1    14
  1.1743101816084480E+00 a       447     0    28     1    15
 -2.7276068565350671E+00 a       448     0    28     1    16
 -4.9369517887123076E+00 a       449     0    29     1     1
  3.0114095189722323E+00 a       450     0    29     1     2
 -1.2403243107656265E+00 a       451     0    29     1     3
  3.3405970680732139E-01 a       452     0    29     1     4
 -9.3843694441720235E-02 a       453     0    29     1     5
 -4.3029964211973022E+00 a       454     0    29     1     6
 -6.6194836325942075E-01 a       455     0    29     1     7
 -4.6390010143219401E-01 a       456     0    29     1     8
  3.3452173262440650E+00 a       457     0    29     1     9
 -7.3932848494084857E-01 a       458     0    29     1    10
  3.5820316787881574E+00 a       459     0    29     1    11
  1.0769163542393618E+00 a       460     0    29     1    12
 -1.3886613098961382E+00 a       461     0    29     1    13
 -1.0051504620100404E+00 a       462     0    29     1    14
  1.9786134518578067E+00 a       463     0    29     1    15
 -2.7113133401828029E+00 a       464     0    29     1    16
 -8.1223541130382344E+00 a       465     0    30     1     1
 -6.3052773604550216E+00 a       466     0    30     1     2
 -6.5709496909317648E+00 a       467     0    30     1     3
 -2.8351502466895568E+00 a       468     0    30     1     4
 -7.9455931006948721E-01 a       469     0    30     1     5
  7.1171382080838330E-01 a       470     0    30     1     6
  1.5896664285752427E+00 a       471     0    30     1     7
 -1.4512292872390493E+00 a       472     0    30     1     8
 -1.5365525193064427E+00 a       473     0    30     1     9
 -2.6637395669668251E+00 a       474     0    30     1    10
 -5.0281945447716581E-01 a       475     0    30     1    11
  2.3210909088226677E+00 a       476     0    30     1    12
 -2.2217939630546463E-01 a       477     0    30     1    13
 -5.2659622103915138E-01 a       478     0    30     1    14
 -1.4915987721629305E+00 a       479     0    30     1    15
 -5.5728275346275655E+00 a       480     0    30     1    16
 -2.7267240078504282E+00 a       481     0    31     1     1
 -9.8077756208604328E+00 a       482     0    31     1     2
 -4.5307660994345111E+00 a       483     0    31     1     3
 -1.2197836043348846E+00 a       484     0    31     1     4
 -2.3408311786471123E+00 a       485     0    31     1     5
  3.8463314377996665E+00 a       486     0    31     1     6
 -5.7213487666719995E+00 a       487     0    31     1     7
 -9.6043949248688365E-01 a       488     0    31     1     8
  3.8294998677679759E+00 a       489     0    31     1     9
  4.5651074883414093E+00 a       490     0    31     1    10
 -3.2849248918541774E+00 a       491     0    31     1    11
 -2.2919501036019980E+00 a       492     0    31     1    12
 -5.0353984869535173E+00 a       493     0    31     1    13
 -2.1507502453833625E+00 a       494     0    31     1    14
 -7.5948400367670110E-01 a       495     0    31     1    15
  3.5459103397249474E+00 a       496     0    31     1    16
  2.3201719312603270E+01 a       497     0    32     1     1
 -1.3392514125632150E+01 a       498     0    32     1     2
  1.7095108897360904E+00 a       499     0    32     1     3
  7.8456952497464272E+00 a       500     0    32     1     4
 -1.1942807426996819E+01 a       501     0    32     1     5
 -2.7837177460523432E+00 a       502     0    32     1     6
 -2.8693944417957113E+00 a       503     0    32     1     7
  3.2283051429672018E+00 a       504     0    32     1     8
  6.5978956302915179E+00 a       505     0    32     1     9
 -1.4378431243280392E+01 a       506     0    32     1    10
 -1.0986913246841929E+01 a       507     0    32     1    11
 -1.0682155553454793E+01 a       508     0    32     1    12
 -2.5060898848920745E+00 a       509     0    32     1    13
  1.2478398103556042E+01 a       510     0    32     1    14
 -1.4852298458248679E+01 a       511     0    32     1    15
  4.9230232479247045E+00 a       512     0    32     1    16
  6.6864097831458285E+00 a       513     0    33     1     1
  2.5855555337019229E+00 a       514     0    33     1     2
  1.1122467433503720E+00 a       515     0    33     1     3
 -2.3529005787043085E+00 a       516     0    33     1     4
 -1.1610998432403137E+00 a       517     0    33     1     5
 -2.4631029333199903E+00 a       518     0    33     1     6
 -3.4585641111750731E+00 a       519     0    33     1     7
  6.1946129040004703E+00 a       520     0    33     1     8
  1.2810932873748120E+00 a       521     0    33     1     9
 -9.3034400503300263E-01 a       522     0    33     1    10
  1.9919752600939382E+00 a       523     0    33     1    11
 -4.3851155798488772E+00 a       524     0    33     1    12
  2.7977150968759266E+00 a       525     0    33     1    13
  1.8354873530020657E+00 a       526     0    33     1    14
  1.7403196507225471E+00 a       527     0    33     1    15
  4.2090056785939236E+00 a       528     0    33     1    16
  9.4925346368449037E-01 a       529     0    34     1     1
  1.1757125909738314E-01 a       530     0    34     1     2
 -7.7029662579990069E-02 a       531     0    34     1     3
 -3.7440357340673414E-01 a       532     0    34     1     4
 -7.6752662954681827E-01 a       533     0    34     1     5
 -2.7686093334994188E-01 a       534     0    34     1     6
 -2.2373355025813010E-01 a       535     0    34     1     7
 -7.5108251092230582E-01 a       536     0    34     1     8
 -7.8956066296291705E-01 a       537     0    34     1     9
  5.1172708346770006E-02 a       538     0    34     1    10
  7.2870357750059433E-01 a       539     0    34     1    11
 -1.5749903841142479E-01 a       540     0    34     1    12
  4.4351830250525992E-01 a       541     0    34     1    13
  3.5901970490691398E-01 a       542     0    34     1    14
  1.0099466326013583E-01 a       543     0    34     1    15
 -2.3311272045483492E-01 a       544     0    34     1    16
 -1.5467021577737954E+00 a       545     0    35     1     1
 -5.1696586289309079E-02 a       546     0    35     1     2
 -4.4363021687970190E-02 a       547     0    35     1     3
  1.1175638836937889E+00 a       548     0    35     1     4
  5.1349441259117445E-01 a       549     0    35     1     5
  1.2329751416936536E+00 a       550     0    35     1     6
  4.3169441599819169E-01 a       551     0    35     1     7
 -1.1585956469065517E+00 a       552     0    35     1     8
  1.1312994411817515E-01 a       553     0    35     1     9
  3.4052576398787687E-01 a       554     0    35     1    10
  1.0497315696285410E+00 a       555     0    35     1    11
  7.1838122192077991E-01 a       556     0    35     1    12
 -5.3085304818484308E-02 a       557     0    35     1    13
  8.0829216977010154E-01 a       558     0    35     1    14
 -1.3471840374477009E-01 a       559     0    35     1    15
 -2.0751061945997584E+00 a       560     0    35     1    16
  8.6069963336429162E-02 a       561     0    36     1     1
 -2.4386944279386574E-01 a       562     0    36     1     2
 -1.9062914270841597E-01 a       563     0    36     1     3
  1.0274919956302813E+00 a       564     0    36     1     4
  5.4712526069655343E-01 a       565     0    36     1     5
  6.9747439039991210E-01 a       566     0    36     1     6
  2.7202280458069722E-01 a       567     0    36     1     7
 -1.8006808847001003E+00 a       568     0    36     1     8
  8.7232985151758494E-02 a       569     0    36     1     9
  5.1025905887544099E-01 a       570     0    36     1    10
 -1.4437670835585142E-01 a       571     0    36     1    11
 -8.2223480156967677E-02 a       572     0    36     1    12
 -5.6383224165437418E-01 a       573     0    36     1    13
 -3.5186229618498871E-01 a       574     0    36     1    14
  3.5039996854542954E-01 a       575     0    36     1    15
 -4.8618429425001025E-01 a       576     0    36     1    16
 -6.4272420723852586E-02 a       577     0    37     1     1
 -1.9118580922710264E+00 a       578     0    37     1     2
 -1.5837891068499581E+00 a       579     0    37     1     3
  8.7018188411501496E-01 a       580     0    37     1     4
 -1.0548074022476903E+00 a       581     0    37     1     5
  1.5395699170178989E+00 a       582     0    37     1     6
  3.4320638165950740E-01 a       583     0    37     1     7
  4.8058391101799025E-01 a       584     0    37     1     8
 -1.3889152879221323E+00 a       585     0    37     1     9
 -5.5420283429618333E-01 a       586     0    37     1    10
  1.7174978325145738E+00 a       587     0    37     1    11
 -9.5319180679922255E-01 a       588     0    37     1    12
 -1.2655730967437486E+00 a       589     0    37     1    13
 -8.1675621235493490E-01 a       590     0    37     1    14
  1.3322812874961518E+00 a       591     0    37     1    15
  7.6650229368627487E-01 a       592     0    37     1    16
 -3.9062963259232969E-01 a       593     0    38     1     1
 -6.1550486269543814E-01 a       594     0    38     1     2
  7.1884793115761547E-01 a       595     0    38     1     3
 -1.4692926427771860E+00 a       596     0    38     1     4
 -2.5470831512371190E+00 a       597     0    38     1     5
  1.3064776747685203E+00 a       598     0    38     1     6
  2.6795645613361927E+00 a       599     0    38     1     7
  1.5672260237213609E+00 a       600     0    38     1     8
 -2.7012479150709430E+00 a       601     0    38     1     9
 -4.5083232589259997E-01 a       602     0    38     1    10
 -3.4848376172985889E+00 a       603     0    38     1    11
 -1.4142108981205259E+00 a       604     0    38     1    12
 -7.4305266631911771E-01 a       605     0    38     1    13
 -4.0371396409609839E-01 a       606     0    38     1    14
 -2.2188357496831881E-01 a       607     0    38     1    15
  2.1230912418763928E+00 a       608     0    38     1    16
 -4.2911154410686887E-02 a       609     0    39     1     1
  1.3483469069024239E+00 a       610     0    39     1     2
  3.7759222329679465E-01 a       611     0    39     1     3
  5.5580514094946043E-01 a       612     0    39     1     4
  1.4936259503392990E+00 a       613     0    39     1     5
  1.6890639534853717E+00 a       614     0    39     1     6
 -3.8157432398740621E-01 a       615     0    39     1     7
  1.0243835438199913E+00 a       616     0    39     1     8
  5.3943530433012787E-01 a       617     0    39     1     9
 -3.3061639894363187E-01 a       618     0    39     1    10
 -3.5982648198963969E+00 a       619     0    39     1    11
 -4.1667409629481866E-01 a       620     0    39     1    12
 -1.9433264256559877E+00 a       621     0    39     1    13
 -3.6231808852500902E+00 a       622     0    39     1    14
  9.2378043049979364E-01 a       623     0    39     1    15
  4.7460481531446003E-01 a       624     0    39     1    16
  5.1393768601164624E-01 a       625     0    40     1     1
  2.5200568262613845E+00 a       626     0    40     1     2
  1.8355054566816820E+00 a       627     0    40     1     3
 -7.7569205797647356E-01 a       628     0    40     1     4
 -2.9471607109565006E+00 a       629     0    40     1     5
 -4.9375219619920710E-02 a       630     0    40     1     6
  5.9896117799739346E-01 a       631     0    40     1     7
  2.8388344107294210E+00 a       632     0    40     1     8
  4.9566273828366586E-01 a       633     0    40     1     9
  1.5208588435862846E+00 a       634     0    40     1    10
 -5.4751829852685301E+00 a       635     0    40     1    11
  9.7675010266674422E-01 a       636     0    40     1    12
  1.8442541998373680E+00 a       637     0    40     1    13
 -8.0952662718998507E+00 a       638     0    40     1    14
 -1.0762115116394906E-01 a       639     0    40     1    15
  9.8791161570264241E-01 a       640     0    40     1    16
 -4.0949277360076302E+00 a       641     0    41     1     1
  4.5978750135638586E+00 a       642     0    41     1     2
  4.1842629394274713E+00 a       643     0    41     1     3
  2.5135097238937165E+00 a       644     0    41     1     4
  2.3118194437298296E+00 a       645     0    41     1     5
  2.9337015924161323E+00 a       646     0    41     1     6
  1.1502286278378198E+00 a       647     0    41     1     7
  6.0765180091732764E+00 a       648     0    41     1     8
  4.3218669963702654E+00 a       649     0    41     1     9
 -1.7976650089408257E+00 a       650     0    41     1    10
 -1.6162293004651775E+00 a       651     0    41     1    11
 -1.0026073930373949E+00 a       652     0    41     1    12
 -4.3985186658082716E-02 a       653     0    41     1    13
 -8.7858239294534730E+00 a       654     0    41     1    14
  9.0617577255153048E-01 a       655     0    41     1    15
 -3.6104413627351697E+00 a       656     0    41     1    16
 -2.6525276021766082E+00 a       657     0    42     1     1
  3.2969236145499864E-01 a       658     0    42     1     2
  8.9654162184677866E-01 a       659     0    42     1     3
 -3.4523551755202631E-01 a       660     0    42     1     4
  3.5575974961107004E-01 a       661     0    42     1     5
 -6.4362834633786248E-01 a       662     0    42     1     6
 -6.6482709446705077E-02 a       663     0    42     1     7
 -1.6746018056503336E+00 a       664     0    42     1     8
  1.6189150459808614E+00 a       665     0    42     1     9
 -2.5113600516709025E+00 a       666     0    42     1    10
  2.7428448316240601E+00 a       667     0    42     1    11
  1.1351202522634545E+00 a       668     0    42     1    12
  1.3939688380673121E+00 a       669     0    42     1    13
 -2.0701698778006574E+00 a       670     0    42     1    14
 -8.7063916789793294E-01 a       671     0    42     1    15
 -3.0106723762752359E+00 a       672     0    42     1    16
 -1.9123815306779331E+01 a       673     0    43     1     1
  6.9157942225934717E+00 a       674     0    43     1     2
  2.8622219568048477E+00 a       675     0    43     1     3
  1.5626303761260929E+00 a       676     0    43     1     4
  2.7130976195254153E+00 a       677     0    43     1     5
 -4.3019488428624539E+00 a       678     0    43     1     6
 -2.1864658540645232E+00 a       679     0    43     1     7
 -5.0907811624460910E+00 a       680     0    43     1     8
 -2.5030587084660909E+00 a       681     0    43     1     9
 -8.9276295918015176E+00 a       682     0    43     1    10
  9.1148161852386256E+00 a       683     0    43     1    11
  1.2334444601620980E+01 a       684     0    43     1    12
  4.8501082270192457E+00 a       685     0    43     1    13
 -6.7469390266922868E-01 a       686     0    43     1    14
 -8.0064004750276947E+00 a       687     0    43     1    15
 -5.0656099417019469E+00 a       688     0    43     1    16
 -3.3695483387072902E+00 a       689     0    44     1     1
  5.0680319783516425E-01 a       690     0    44     1     2
  4.7988269509195378E+00 a       691     0    44     1     3
  7.7064292055410677E-01 a       692     0    44     1     4
  6.7909134580087605E-01 a       693     0    44     1     5
 -8.4720754733426453E+00 a       694     0    44     1     6
 -3.5858081015224408E-01 a       695     0    44     1     7
  2.4796292456099789E-01 a       696     0    44     1     8
  6.7345908731077806E+00 a       697     0    44     1     9
  1.2807756266518087E+00 a       698     0    44     1    10
  3.6135742645710498E+00 a       699     0    44     1    11
  5.5629845836924985E-01 a       700     0    44     1    12
  5.1968734707604325E+00 a       701     0    44     1    13
  2.8452136064253192E-01 a       702     0    44     1    14
 -2.6269231837330294E+00 a       703     0    44     1    15
 -3.2935752882035438E+00 a       704     0    44     1    16
  2.0901758976355422E+00 a       705     0    45     1     1
 -2.8475154817307788E+00 a       706     0    45     1     2
  1.7705904687211809E+00 a       707     0    45     1     3
 -2.3532760736549840E-01 a       708     0    45     1     4
 -5.4366830498990231E+00 a       709     0    45     1     5
 -8.1539720245446841E+00 a       710     0    45     1     6
  1.3536636302639329E+00 a       711     0    45     1     7
 -2.7693363296929414E+00 a       712     0    45     1     8
 -2.0634388805015571E+00 a       713     0    45     1     9
  2.6809174558611155E+00 a       714     0    45     1    10
  7.9149580052835624E+00 a       715     0    45     1    11
  4.9848382988638706E-01 a       716     0    45     1    12
  7.4716231992688202E+00 a       717     0    45     1    13
  6.9599155923142257E+00 a       718     0    45     1    14
 -4.4234949954999756E+00 a       719     0    45     1    15
  5.8407118487043608E-01 a       720     0    45     1    16
 -4.3072937252524301E+00 a       721     0    46     1     1
 -6.6122876108630757E-01 a       722     0    46     1     2
  1.2060840433482625E+00 a       723     0    46     1     3
 -2.7924304512184666E+00 a       724     0    46     1     4
  3.6439885092589996E+00 a       725     0    46     1     5
 -1.5943516492352263E+00 a       726     0    46     1     6
  5.4640181964083412E-01 a       727     0    46     1     7
  1.0495005967332118E+00 a       728     0    46     1     8
  7.9627047628542347E-01 a       729     0    46     1     9
 -3.9807703141645350E+00 a       730     0    46     1    10
  6.3636695651741331E+00 a       731     0    46     1    11
 -1.9586824577662247E+00 a       732     0    46     1    12
  5.3023804323939423E+00 a       733     0    46     1    13
  1.0717425156660369E+01 a       734     0    46     1    14
 -5.7758896158702999E-01 a       735     0    46     1    15
 -5.2744589926943881E+00 a       736     0    46     1    16
  6.5680001801726311E+00 a       737     0    47     1     1
 -1.1336379502313491E+01 a       738     0    47     1     2
 -6.3711612895565102E+00 a       739     0    47     1     3
 -3.0662778095701975E+00 a       740     0    47     1     4
 -3.3488713705951154E+00 a       741     0    47     1     5
 -8.2544892827549976E+00 a       742     0    47     1     6
  2.6497502548595486E-01 a       743     0    47     1     7
 -1.3570139054785143E+01 a       744     0    47     1     8
 -5.1154824208617873E+00 a       745     0    47     1     9
  3.3939528360651439E+00 a       746     0    47     1    10
  7.0328936470841015E+00 a       747     0    47     1    11
  3.2371039969661761E+00 a       748     0    47     1    12
 -2.8349461779110712E+00 a       749     0    47     1    13
  1.1422808403774845E+01 a       750     0    47     1    14
 -3.5743378021124039E+00 a       751     0    47     1    15
  3.9493647340959246E+00 a       752     0    47     1    16
  3.0603332429819190E+00 a       753     0    48     1     1
 -4.1429839572039118E+00 a       754     0    48     1     2
 -1.3749355804222800E+00 a       755     0    48     1     3
 -4.5697341451907860E+00 a       756     0    48     1     4
 -2.9228999742162289E-02 a       757     0    48     1     5
 -9.2581943626364138E-01 a       758     0    48     1     6
 -7.6364703282856128E-01 a       759     0    48     1     7
 -2.2291315042744624E+00 a       760     0    48     1     8
 -1.3719692257207270E+00 a       761     0    48     1     9
  3.6263097500182915E+00 a       762     0    48     1    10
 -8.4647775090892878E+00 a       763     0    48     1    11
  1.2788525359374008E+00 a       764     0    48     1    12
 -1.2521691551589573E+00 a       765     0    48     1    13
 -4.2523387717723554E-01 a       766     0    48     1    14
 -2.1979830523354780E+00 a       767     0    48     1    15
  6.8437788166523683E+00 a       768     0    48     1    16
  2.4438107476693403E+00 a       769     0    49     1     1
 -1.6814934601292972E+01 a       770     0    49     1     2
 -3.1550057492367047E+00 a       771     0    49     1     3
 -7.9132731515028132E+00 a       772     0    49     1     4
 -1.1251109833651757E+01 a       773     0    49     1     5
 -7.9109494319948359E-01 a       774     0    49     1     6
  1.3172289034679192E+01 a       775     0    49     1     7
 -3.2966227024466432E+00 a       776     0    49     1     8
  8.6476901849477716E+00 a       777     0    49     1     9
  3.9785741952093268E-01 a       778     0    49     1    10
 -5.0331815351422975E+00 a       779     0    49     1    11
 -7.6596410221819209E+00 a       780     0    49     1    12
 -6.9107232236169329E+00 a       781     0    49     1    13
 -6.2339251594541869E+00 a       782     0    49     1    14
  3.9838886330021639E+00 a       783     0    49     1    15
 -9.4675994454987151E+00 a       784     0    49     1    16
  1.0932940949639067E+00 a       785     0    50     1     1
  2.8346517896274787E-01 a       786     0    50     1     2
 -1.2087289916708878E-01 a       787     0    50     1     3
  4.1608614980323316E-01 a       788     0    50     1     4
  7.5352719697094883E-01 a       789     0    50     1     5
  1.6904270655259257E-01 a       790     0    50     1     6
 -1.0121387271402653E+00 a       791     0    50     1     7
 -7.4189674616224688E-01 a       792     0    50     1     8
 -3.7260564016386159E-02 a       793     0    50     1     9
  3.7389395896767424E-01 a       794     0    50     1    10
  7.9255284744345025E-02 a       795     0    50     1    11
  3.7489452451706790E-01 a       796     0    50     1    12
  9.0610818588787959E-02 a       797     0    50     1    13
 -8.8077729655014558E-01 a       798     0    50     1    14
 -2.4357981513919678E-02 a       799     0    50     1    15
  3.2210151983364904E-01 a       800     0    50     1    16
 -6.3501624787009603E-01 a       801     0    51     1     1
 -8.7176974433365151E-01 a       802     0    51     1     2
 -2.6096546234664825E-01 a       803     0    51     1     3
 -9.8036943172224666E-02 a       804     0    51     1     4
  9.3728064384837018E-01 a       805     0    51     1     5
  1.1418731522882429E-01 a       806     0    51     1     6
 -3.1072768498665093E-01 a       807     0    51     1     7
 -9.8197591974129261E-01 a       808     0    51     1     8
  1.3265428752788488E-01 a       809     0    51     1     9
 -4.9197249933029963E-01 a       810     0    51     1    10
  1.9204306716772621E+00 a       811     0    51     1    11
 -1.3858785125466904E-02 a       812     0    51     1    12
 -5.2350983964318171E-02 a       813     0    51     1    13
  1.3198609590338071E+00 a       814     0    51     1    14
 -3.6645519548480027E-01 a       815     0    51     1    15
 -5.2873568994635267E-01 a       816     0    51     1    16
  3.3180052772119382E+00 a       817     0    52     1     1
 -2.2029180030972415E+00 a       818     0    52     1     2
  3.0941382832475994E-01 a       819     0    52     1     3
 -3.6941906685818726E-01 a       820     0    52     1     4
 -2.1969072604034867E+00 a       821     0    52     1     5
 -6.3384816792310605E-01 a       822     0    52     1     6
  1.0800308395226443E+00 a       823     0    52     1     7
 -2.0066705943602976E+00 a       824     0    52     1     8
  1.1804026880989564E+00 a       825     0    52     1     9
  6.4106040926486074E-01 a       826     0    52     1    10
  2.9754254221632315E+00 a       827     0    52     1    11
 -1.2990354476254953E+00 a       828     0    52     1    12
 -6.3257548923801621E-01 a       829     0    52     1    13
  7.8642360532311009E-02 a       830     0    52     1    14
  8.1204345847870030E-01 a       831     0    52     1    15
 -2.0016908189554923E+00 a       832     0    52     1    16
 -5.6474779150915133E-01 a       833     0    53     1     1
 -2.6515741051723967E+00 a       834     0    53     1     2
 -3.1492055938173977E+00 a       835     0    53     1     3
  1.3148522021712622E-01 a       836     0    53     1     4
 -5.9156872960506798E-02 a       837     0    53     1     5
  2.5760867519587833E+00 a       838     0    53     1     6
  1.8732290378116987E+00 a       839     0    53     1     7
  6.7945225543827341E+00 a       840     0    53     1     8
 -6.0236908906455024E+00 a       841     0    53     1     9
 -1.6656901038335050E+00 a       842     0    53     1    10
 -5.7658269842989904E+00 a       843     0    53     1    11
  7.6706868042779608E-01 a       844     0    53     1    12
 -1.4893309196231534E+00 a       845     0    53     1    13
  2.1837976803255867E+00 a       846     0    53     1    14
 -1.3966670383616924E+00 a       847     0    53     1    15
  6.8248566749970472E+00 a       848     0    53     1    16
 -1.6268466025711248E+00 a       849     0    54     1     1
 -9.6593840078136028E-01 a       850     0    54     1     2
 -3.0840430771002367E+00 a       851     0    54     1     3
  6.9416074002633399E-01 a       852     0    54     1     4
  2.8684388954724405E+00 a       853     0    54     1     5
  2.6155335531241564E+00 a       854     0    54     1     6
  2.1992898071051878E+00 a       855     0    54     1     7
  3.3582153842117806E+00 a       856     0    54     1     8
 -2.0496958602290656E+00 a       857     0    54     1     9
 -2.5016127950830769E+00 a       858     0    54     1    10
 -7.3859475829436905E+00 a       859     0    54     1    11
  2.3098383526086913E-01 a       860     0    54     1    12
 -4.8365147467978389E+00 a       861     0    54     1    13
 -2.9014249403710508E+00 a       862     0    54     1    14
  1.4526798599010962E+00 a       863     0    54     1    15
  1.3263363498121912E+00 a       864     0    54     1    16
  3.9619057805595331E-01 a       865     0    55     1     1
 -3.8632249446061993E-02 a       866     0    55     1     2
 -6.5986851071398089E-01 a       867     0    55     1     3
  3.1130521221975038E-01 a       868     0    55     1     4
 -1.7801570257806234E+00 a       869     0    55     1     5
 -3.2352873857592529E-02 a       870     0    55     1     6
 -2.6695505459626784E-01 a       871     0    55     1     7
  2.3660018551544502E+00 a       872     0    55     1     8
 -3.4421607229201184E-01 a       873     0    55     1     9
  1.9046831678630640E+00 a       874     0    55     1    10
 -4.3649813017218397E+00 a       875     0    55     1    11
  5.9745974453368947E-02 a       876     0    55     1    12
 -2.2362680231454291E+00 a       877     0    55     1    13
 -4.5348633082507792E+00 a       878     0    55     1    14
 -7.2582899188068462E-01 a       879     0    55     1    15
  2.6118337273783521E+00 a       880     0    55     1    16
 -2.4946847063547182E+00 a       881     0    56     1     1
  5.7718129248461167E+00 a       882     0    56     1     2
  2.9305875024447907E+00 a       883     0    56     1     3
  1.7862437518737646E+00 a       884     0    56     1     4
  1.2731483367047656E+00 a       885     0    56     1     5
  5.4448123242796260E+00 a       886     0    56     1     6
  1.6486332085343738E+00 a       887     0    56     1     7
  8.6883250276684567E+00 a       888     0    56     1     8
  1.9630629970795899E+00 a       889     0    56     1     9
 -1.5982364491094136E+00 a       890     0    56     1    10
 -6.1220266153440699E+00 a       891     0    56     1    11
 -1.9659721265614374E+00 a       892     0    56     1    12
  3.3865394994924330E-01 a       893     0    56     1    13
 -6.1792243364764339E+00 a       894     0    56     1    14
  2.3548835018969942E+00 a       895     0    56     1    15
  1.4116216303255806E+00 a       896     0    56     1    16
 -1.5566413376831227E+00 a       897     0    57     1     1
  3.9416295330455493E+00 a       898     0    57     1     2
  2.7520567979096211E+00 a       899     0    57     1     3
  4.5069218958021500E+00 a       900     0    57     1     4
  2.0237044830310920E+00 a       901     0    57     1     5
  1.5979749290228213E+00 a       902     0    57     1     6
 -4.8672539283209065E-01 a       903     0    57     1     7
 -2.7647509721079717E+00 a       904     0    57     1     8
  2.9032783610218669E+00 a       905     0    57     1     9
 -9.0294929750839958E-01 a       906     0    57     1    10
  3.8521526363280048E+00 a       907     0    57     1    11
 -2.1480581661784828E+00 a       908     0    57     1    12
  7.2818787977286492E-01 a       909     0    57     1    13
 -2.8692122635870404E-01 a       910     0    57     1    14
  2.2561925342716158E+00 a       911     0    57     1    15
 -1.5857555116093089E+00 a       912     0    57     1    16
 -4.7930124354374293E-01 a       913     0    58     1     1
  8.4227442859846668E+00 a       914     0    58     1     2
  4.2149091877596909E+00 a       915     0    58     1     3
  4.3621306202462451E+00 a       916     0    58     1     4
  8.5833160980967023E+00 a       917     0    58     1     5
  3.1222266614118941E+00 a       918     0    58     1     6
 -1.0812912438579177E+01 a       919     0    58     1     7
  3.6909251928375236E-01 a       920     0    58     1     8
 -2.6991431261956539E-01 a       921     0    58     1     9
 -3.8736953324610353E+00 a       922     0    58     1    10
  3.1175761550526282E+00 a       923     0    58     1    11
  4.3935386266766647E+00 a       924     0    58     1    12
  1.1553204784102057E+01 a       925     0    58     1    13
  3.5815007511505961E+00 a       926     0    58     1    14
 -1.4454618941199449E+00 a       927     0    58     1    15
  6.4718875928336681E+00 a       928     0    58     1    16
  1.2685810786328574E+01 a       929     0    59     1     1
 -5.5673759105559117E-01 a       930     0    59     1     2
 -2.9170141511861689E-02 a       931     0    59     1     3
 -1.8131860967845850E+00 a       932     0    59     1     4
  6.2545312335128580E+00 a       933     0    59     1     5
  2.9480617974145478E+00 a       934     0    59     1     6
 -4.3783277217011438E+00 a       935     0    59     1     7
  6.3065926823561789E+00 a       936     0    59     1     8
  2.2503803920644181E+00 a       937     0    59     1     9
  2.9033071557935339E+00 a       938     0    59     1    10
 -1.1735062903593217E+01 a       939     0    59     1    11
 -7.4078182166918074E+00 a       940     0    59     1    12
  6.5508806903949146E-01 a       941     0    59     1    13
 -1.5872025455472288E-01 a       942     0    59     1    14
  3.9560018693162777E+00 a       943     0    59     1    15
  9.4775931402857410E+00 a       944     0    59     1    16
  3.4893239614858791E+00 a       945     0    60     1     1
  3.2376437184092390E+00 a       946     0    60     1     2
  3.7507860667943987E-01 a       947     0    60     1     3
  2.0945389130147821E-01 a       948     0    60     1     4
  1.0778150831218052E+00 a       949     0    60     1     5
  3.4196513059294369E+00 a       950     0    60     1     6
 -3.0883717971084943E+00 a       951     0    60     1     7
 -8.7418004390586788E+00 a       952     0    60     1     8
  2.0523546999535407E+00 a       953     0    60     1     9
  1.1664027696570829E+00 a       954     0    60     1    10
  4.4738634560370860E+00 a       955     0    60     1    11
 -1.2008200495862353E+00 a       956     0    60     1    12
 -1.3824257397373423E+00 a       957     0    60     1    13
 -1.4334586780064784E+00 a       958     0    60     1    14
  3.1289842461547792E+00 a       959     0    60     1    15
 -4.1708007585139457E+00 a       960     0    60     1    16
  3.4288796902763456E+00 a       961     0    61     1     1
 -1.3281057453515963E+00 a       962     0    61     1     2
 -1.5815122286173147E+00 a       963     0    61     1     3
  3.2923352756213435E+00 a       964     0    61     1     4
  7.8358073025150066E-01 a       965     0    61     1     5
  1.9319411878776662E+00 a       966     0    61     1     6
 -2.9462671360826731E-01 a       967     0    61     1     7
 -6.6341970063738103E+00 a       968     0    61     1     8
 -7.5572880303083789E-01 a       969     0    61     1     9
  1.5236254924808663E+00 a       970     0    61     1    10
  2.1121501715954940E+00 a       971     0    61     1    11
 -3.7914809068437900E-03 a       972     0    61     1    12
 -4.5970106628719272E+00 a       973     0    61     1    13
  3.8623535224849109E-01 a       974     0    61     1    14
  1.6264885447615969E+00 a       975     0    61     1    15
  1.7915805179504471E+00 a       976     0    61     1    16
  8.9053484403104743E-01 a       977     0    62     1     1
 -1.7049911553443861E-01 a       978     0    62     1     2
 -1.6813388371886726E+00 a       979     0    62     1     3
 -5.7250541526341396E-02 a       980     0    62     1     4
 -1.7031602596146689E+00 a       981     0    62     1     5
 -7.4969383653542526E-02 a       982     0    62     1     6
  2.0950433035914138E+00 a       983     0    62     1     7
  9.3459706604265715E+00 a       984     0    62     1     8
 -1.7342038926080148E+00 a       985     0    62     1     9
 -8.3262750605227520E-01 a       986     0    62     1    10
  2.4802074932799552E+00 a       987     0    62     1    11
 -1.5275179161732566E-01 a       988     0    62     1    12
 -6.5543175345209204E-01 a       989     0    62     1    13
  2.8198370240047939E+00 a       990     0    62     1    14
  6.5795877267020531E-01 a       991     0    62     1    15
  3.0906106857625376E-01 a       992     0    62     1    16
 -1.6706955190820130E+00 a       993     0    63     1     1
  1.1679899824660718E+00 a       994     0    63     1     2
  7.0940539748315690E-01 a       995     0    63     1     3
 -7.7837249488401439E-01 a       996     0    63     1     4
  1.3778681536185380E+00 a       997     0    63     1     5
  3.4651326292716704E+00 a       998     0    63     1     6
 -1.7263340815330515E+00 a       999     0    63     1     7
 -1.9272854595928818E-01 a      1000     0    63     1     8
  3.6642918889627420E+00 a      1001     0    63     1     9
 -1.7318388695586797E-02 a      1002     0    63     1    10
  1.4738526669660896E+00 a      1003     0    63     1    11
 -5.0927053766418040E-01 a      1004     0    63     1    12
 -1.8615485743472557E+00 a      1005     0    63     1    13
 -4.0804108837426822E-01 a      1006     0    63     1    14
  1.7538216678756009E+00 a      1007     0    63     1    15
 -1.0091038174156872E+00 a      1008     0    63     1    16
  1.9705359966395730E+00 a      1009     0    64     1     1
  5.0120503465140738E+00 a      1010     0    64     1     2
  2.2803751882802806E-01 a      1011     0    64     1     3
 -4.4369265638293970E-01 a      1012     0    64     1     4
 -3.7733854927975585E+00 a      1013     0    64     1     5
 -1.8150338072296202E+00 a      1014     0    64     1     6
  1.7076905861198992E+00 a      1015     0    64     1     7
  1.5495880267592024E+00 a      1016     0    64     1     8
 -5.3821161214780977E+00 a      1017     0    64     1     9
  7.5287011366105467E+00 a      1018     0    64     1    10
  2.9738178606296577E+00 a      1019     0    64     1    11
  1.4093949726688020E+00 a      1020     0    64     1    12
 -5.8850752837663762E+00 a      1021     0    64     1    13
  6.5911211015120097E-01 a      1022     0    64     1    14
 -1.8948459554533552E+00 a      1023     0    64     1    15
  2.7246037080260443E-01 a      1024     0    64     1    16
  1.6409359211809668E-01 b      1025     1     1
  3.0566021593518422E-01 b      1026     1     2
  3.9214450717725509E-02 b      1027     1     3
  2.5364098271314589E-01 b      1028     1     4
  2.1314831476207278E-02 b      1029     1     5
  1.2861491169712624E-01 b      1030     1     6
  1.6610297688854664E-02 b      1031     1     7
  6.7676680841238382E-03 b      1032     1     8
  2.4361409807372350E-01 b      1033     1     9
 -2.3581352577378900E-01 b      1034     1    10
 -9.3638987197042639E-03 b      1035     1    11
 -5.3204439139501937E-02 b      1036     1    12
  2.4051707931958510E-01 b      1037     1    13
  2.6489771162480291E-01 b      1038     1    14
  1.0375941070277811E-01 b      1039     1    15
  2.2905349587433071E-01 b      1040     1    16
 -8.9623567046884967E-01 a      1041     1     1     2     1
 -4.8354933603224276E-01 a      1042     1     1     2     2
 -6.3549371802938215E-01 a      1043     1     1     2     3
 -7.6215032117856041E-01 a      1044     1     1     2     4
  5.7110547844867809E-01 a      1045     1     1     2     5
 -7.5980350200803681E-01 a      1046     1     1     2     6
  2.7263878417439700E+00 a      1047     1     1     2     7
  3.5833302235207626E-01 a      1048     1     1     2     8
 -7.7838212723533140E-01 a      1049     1     1     2     9
 -2.6095636781412601E-01 a      1050     1     1     2    10
 -6.7044220506903762E-01 a      1051     1     1     2    11
  6.5658374718350690E-02 a      1052     1     1     2    12
 -4.5860501104760953E-01 a      1053     1     1     2    13
  1.7478284814766770E-01 a      1054     1     1     2    14
  1.4646939702612563E-01 a      1055     1     1     2    15
  2.4330729555077846E-01 a      1056     1     1     2    16
 -9.3313451490382740E-02 a      1057     1     2     2     1
 -1.0998795473240053E+00 a      1058     1     2     2     2
 -3.6062503745646381E-02 a      1059     1     2     2     3
  1.2717561463563538E+00 a      1060     1     2     2     4
  1.1010249721582618E-01 a      1061     1     2     2     5
  4.2314469908118824E-01 a      1062     1     2     2     6
 -9.7928943751926720E-02 a      1063     1     2     2     7
  9.4965002671650867E-01 a      1064     1     2     2     8
 -3.9289976633746532E-02 a      1065     1     2     2     9
  1.9226129308659171E-01 a      1066     1     2     2    10
  6.6467710261012292E-01 a      1067     1     2     2    11
  1.7945389835001864E+00 a      1068     1     2     2    12
  2.2396000392632978E-01 a      1069     1     2     2    13
 -5.7996536093692774E-01 a      1070     1     2     2    14
 -4.3281795579686544E-01 a      1071     1     2     2    15
 -3.2500083155700027E-01 a      1072     1     2     2    16
  5.3969280799709995E-01 a      1073     1     3     2     1
  1.1147298182122209E+00 a      1074     1     3     2     2
  1.2689885668638221E-01 a      1075     1     3     2     3
 -1.5556969279025834E+00 a      1076     1     3     2     4
  1.1411181826686152E+00 a      1077     1     3     2     5
  1.6874201118180589E-02 a      1078     1     3     2     6
  1.4641661413401406E+00 a      1079     1     3     2     7
 -9.0592801256441591E-01 a      1080     1     3     2     8
  6.9698931161848654E-01 a      1081     1     3     2     9
 -4.6906224105917638E-01 a      1082     1     3     2    10
 -5.9380354153784587E-01 a      1083     1     3     2    11
 -3.7293239567249270E-01 a      1084     1     3     2    12
 -4.7468706771342566E-02 a      1085     1     3     2    13
 -3.9769033316161922E-01 a      1086     1     3     2    14
  5.9888641569011669E-01 a      1087     1     3     2    15
  5.8121562357718304E-01 a      1088     1     3     2    16
 -1.0318012052661827E+00 a      1089     1     4     2     1
 -7.6104020030682262E-01 a      1090     1     4     2     2
  4.7566069198310638E-03 a      1091     1     4     2     3
  7.0518079449690263E-01 a      1092     1     4     2     4
  6.9180321326187399E-01 a      1093     1     4     2     5
  1.6101564683655456E-01 a      1094     1     4     2     6
 -8.4508791487198986E-01 a      1095     1     4     2     7
  5.4287532507046976E-01 a      1096     1     4     2     8
  8.7517354518606705E-01 a      1097     1     4     2     9
 -2.1388780937079158E-01 a      1098     1     4     2    10
 -8.0652955615582178E-01 a      1099     1     4     2    11
  7.0958263435985591E-01 a      1100     1     4     2    12
 -6.5976749224936082E-01 a      1101     1     4     2    13
 -5.3917300313751071E-01 a      1102     1     4     2    14
  4.5052104746151934E-02 a      1103     1     4     2    15
 -3.3969246285829585E-01 a      1104     1     4     2    16
 -1.0525607629388453E-01 a      1105     1     5     2     1
 -7.6677457709923791E-01 a      1106     1     5     2     2
 -2.8625947209492947E-01 a      1107     1     5     2     3
 -1.8615183390860941E+00 a      1108     1     5     2     4
  7.1668883976567355E-01 a      1109     1     5     2     5
  6.5418095793450248E-01 a      1110     1     5     2     6
  3.2532086985448863E+00 a      1111     1     5     2     7
  2.2274881928520709E+00 a      1112     1     5     2     8
  9.6315312372365014E-01 a      1113     1     5     2     9
 -2.0951242632782957E-01 a      1114     1     5     2    10
 -9.5101478114562177E-01 a      1115     1     5     2    11
 -2.2874932883813082E-01 a      1116     1     5     2    12
  7.4919242148137888E-02 a      1117     1     5     2    13
  1.1923257092285713E-01 a      1118     1     5     2    14
 -5.1922237977274666E-01 a      1119     1     5     2    15
 -5.0241739810363095E-01 a      1120     1     5     2    16
  5.6875641483294659E-01 a      1121     1     6     2     1
  9.5069823877002091E-01 a      1122     1     6     2     2
 -7.7381350917029212E-01 a      1123     1     6     2     3
 -3.3759523260101554E-01 a      1124     1     6     2     4
 -1.0848166932516137E+00 a      1125     1     6     2     5
 -3.5819130870801369E-01 a      1126     1     6     2     6
 -3.1739287872892263E-01 a      1127     1     6     2     7
 -5.7672400342371466E-01 a      1128     1     6     2     8
 -1.4508765327856801E+00 a      1129     1     6     2     9
 -6.0734801245723513E-01 a      1130     1     6     2    10
  1.0696475990732734E-01 a      1131     1     6     2    11
  2.6095432669759788E-01 a      1132     1     6     2    12
  3.1715631857973864E-01 a      1133     1     6     2    13
 -9.9504384105376806E-02 a      1134     1     6     2    14
 -8.5994620193088189E-01 a      1135     1     6     2    15
  5.3830679643526347E-01 a      1136     1     6     2    16
 -1.9113427475502368E-01 a      1137     1     7     2     1
 -2.2069012180247896E-01 a      1138     1     7     2     2
 -4.5728421171286837E-01 a      1139     1     7     2     3
 -4.6850540607064778E-01 a      1140     1     7     2     4
  5.4034150300241468E-01 a      1141     1     7     2     5
 -5.6408657447864019E-01 a      1142     1     7     2     6
  2.3112206911757278E+00 a      1143     1     7     2     7
  1.2679224770565259E-01 a      1144     1     7     2     8
 -1.0643754883796135E+00 a      1145     1     7     2     9
  2.2697856703821018E-01 a      1146     1     7     2    10
  4.3938174951417769E-01 a      1147     1     7     2    11
 -2.7333276258082490E-01 a      1148     1     7     2    12
 -2.7286904113293813E-02 a      1149     1     7     2    13
 -1.1582335316846469E-01 a      1150     1     7     2    14
  8.9730274612521921E-01 a      1151     1     7     2    15
  3.6321380376233708E-01 a      1152     1     7     2    16
  8.7101832091455278E-02 a      1153     1     8     2     1
  6.7693372294867840E-02 a      1154     1     8     2     2
 -2.7688115619125458E-02 a      1155     1     8     2     3
 -4.9936148384629631E-01 a      1156     1     8     2     4
  7.9169953247388430E-02 a      1157     1     8     2     5
  1.5557643044449945E-01 a      1158     1     8     2     6
  3.5626006945162403E-01 a      1159     1     8     2     7
 -4.4943700800508399E-02 a      1160     1     8     2     8
  3.0041455825259272E-01 a      1161     1     8     2     9
  1.9718066443392251E-01 a      1162     1     8     2    10
 -3.5405637139109969E-01 a      1163     1     8     2    11
  1.1002690353098570E-01 a      1164     1     8     2    12
  1.5352157082562859E-01 a      1165     1     8     2    13
 -5.6037304592963844E-01 a      1166     1     8     2    14
 -2.7166190223811004E-01 a      1167     1     8     2    15
 -9.3503594363284481E-02 a      1168     1     8     2    16
 -7.2262530289691218E-01 a      1169     1     9     2     1
 -1.6827776991132709E-01 a      1170     1     9     2     2
 -4.1080734791441426E-01 a      1171     1     9     2     3
  7.4967938440063275E-01 a      1172     1     9     2     4
  4.1187247420681389E-01 a      1173     1     9     2     5
 -9.2113755093032157E-01 a      1174     1     9     2     6
 -7.4070067329797340E-01 a      1175     1     9     2     7
 -2.1966708377260775E+00 a      1176     1     9     2     8
 -1.1062476947821631E+00 a      1177     1     9     2     9
 -5.4388409377859559E-01 a      1178     1     9     2    10
  2.1488072554050347E-01 a      1179     1     9     2    11
 -1.6318336401350486E-01 a      1180     1     9     2    12
 -3.8780216733860157E-01 a      1181     1     9     2    13
  9.9768500526612358E-01 a      1182     1     9     2    14
  1.0789042685890418E+00 a      1183     1     9     2    15
  3.1421087622302050E-02 a      1184     1     9     2    16
  1.0583078323317314E+00 a      1185     1    10     2     1
  5.3627558820163446E-01 a      1186     1    10     2     2
 -4.1253435128899618E-01 a      1187     1    10     2     3
 -1.6709557558031789E+00 a      1188     1    10     2     4
 -1.0129760247667450E+00 a      1189     1    10     2     5
 -2.5774074672675135E-01 a      1190     1    10     2     6
  1.1074406165798671E+00 a      1191     1    10     2     7
 -2.1310544558234716E+00 a      1192     1    10     2     8
 -6.4159423000945248E-01 a      1193     1    10     2     9
 -3.8618820842028839E-01 a      1194     1    10     2    10
  1.0223169733618611E+00 a      1195     1    10     2    11
 -2.4969797767552185E-01 a      1196     1    10     2    12
 -1.9694257613999674E-02 a      1197     1    10     2    13
  1.0382979618757515E+00 a      1198     1    10     2    14
 -3.0942677253214196E-01 a      1199     1    10     2    15
  1.1442033955614526E+00 a      1200     1    10     2    16
  7.1765317772840997E-01 a      1201     1    11     2     1
  5.6146772957798119E-01 a      1202     1    11     2     2
 -3.0293129350337938E-01 a      1203     1    11     2     3
  1.0660924963193652E-01 a      1204     1    11     2     4
  3.1335193099528386E-01 a      1205     1    11     2     5
  3.7170318816362702E-01 a      1206     1    11     2     6
  1.0930250746900438E+00 a      1207     1    11     2     7
 -9.4497685697461853E-01 a      1208     1    11     2     8
 -2.5572117724951510E-02 a      1209     1    11     2     9
  5.5423726548333985E-01 a      1210     1    11     2    10
  1.8666313955796737E-01 a      1211     1    11     2    11
 -1.1968000428504144E-01 a      1212     1    11     2    12
  4.9438268589190959E-01 a      1213     1    11     2    13
 -1.4911667750469307E-01 a      1214     1    11     2    14
  5.8038011153803437E-01 a      1215     1    11     2    15
  6.4465170434007668E-01 a      1216     1    11     2    16
  1.5256451163602969E+00 a      1217     1    12     2     1
  1.1268351870132649E+00 a      1218     1    12     2     2
 -9.7616577456157583E-01 a      1219     1    12     2     3
  2.3563077354524831E-01 a      1220     1    12     2     4
  4.5651094669641745E-01 a      1221     1    12     2     5
 -6.7926795868282597E-02 a      1222     1    12     2     6
 -2.0146987665270246E+00 a      1223     1    12     2     7
 -1.2970643204937771E+00 a      1224     1    12     2     8
  3.0684625462344434E-01 a      1225     1    12     2     9
 -1.8076368705021678E-01 a      1226     1    12     2    10
  5.2251911292771802E-01 a      1227     1    12     2    11
  4.3796862041522994E-01 a      1228     1    12     2    12
  1.1270142457146681E+00 a      1229     1    12     2    13
 -6.0638488759587506E-01 a      1230     1    12     2    14
  5.5935681438534424E-01 a      1231     1    12     2    15
  6.9880206824071089E-01 a      1232     1    12     2    16
 -1.7139060988816211E-02 a      1233     1    13     2     1
  3.0189883762679071E-01 a      1234     1    13     2     2
  4.6549234216225838E-01 a      1235     1    13     2     3
  1.5313520804258071E-01 a      1236     1    13     2     4
 -4.8278843756230788E-01 a      1237     1    13     2     5
 -7.5110860739576610E-02 a      1238     1    13     2     6
  4.3013390684537456E-01 a      1239     1    13     2     7
 -2.0026755859442130E-01 a      1240     1    13     2     8
 -1.8653592183669654E-01 a      1241     1    13     2     9
  2.0554541039056104E-01 a      1242     1    13     2    10
  8.0546540787442844E-01 a      1243     1    13     2    11
 -9.4555865944650486E-01 a      1244     1    13     2    12
 -2.1403635551029648E-01 a      1245     1    13     2    13
 -1.3077207116160530E+00 a      1246     1    13     2    14
 -2.7138403241885939E-01 a      1247     1    13     2    15
 -5.6595455696195796E-01 a      1248     1    13     2    16
  3.6108103623602200E-01 a      1249     1    14     2     1
  5.1026187215675547E-02 a      1250     1    14     2     2
 -1.1286386045138196E-01 a      1251     1    14     2     3
 -4.7043790811296438E-01 a      1252     1    14     2     4
  5.3005714465711540E-01 a      1253     1    14     2     5
 -5.4393799196644554E-01 a      1254     1    14     2     6
  3.2342574742323715E-01 a      1255     1    14     2     7
 -8.9475060419148011E-01 a      1256     1    14     2     8
 -5.9334269088387281E-01 a      1257     1    14     2     9
 -5.6680401685092163E-01 a      1258     1    14     2    10
  9.2002020058758527E-01 a      1259     1    14     2    11
  7.9786818455414565E-01 a      1260     1    14     2    12
  5.0518668276465351E-01 a      1261     1    14     2    13
  3.9152360708711254E-02 a      1262     1    14     2    14
  6.2308601642674122E-01 a      1263     1    14     2    15
  1.5003155963279330E-01 a      1264     1    14     2    16
  4.1686855793937100E-01 a      1265     1    15     2     1
 -2.2876027455351572E-01 a      1266     1    15     2     2
  7.8898986717008046E-01 a      1267     1    15     2     3
  4.6498235398723958E-01 a      1268     1    15     2     4
  6.7416059469510625E-01 a      1269     1    15     2     5
 -1.5007294480999236E-01 a      1270     1    15     2     6
 -1.2934761791720513E+00 a      1271     1    15     2     7
 -1.9815579421753098E+00 a      1272     1    15     2     8
  1.0615752957315809E+00 a      1273     1    15     2     9
  8.6154594582944810E-01 a      1274     1    15     2    10
  8.0466749354057088E-01 a      1275     1    15     2    11
 -5.7584800856080545E-02 a      1276     1    15     2    12
  3.3990831487529261E-01 a      1277     1    15     2    13
 -2.5304155810884518E-02 a      1278     1    15     2    14
  1.2162158442991493E+00 a      1279     1    15     2    15
 -1.5572832095960154E-01 a      1280     1    15     2    16
  3.6965396078309631E-03 a      1281     1    16     2     1
  2.4178905379217225E-01 a      1282     1    16     2     2
  2.1585041945834130E-01 a      1283     1    16     2     3
  6.5119544515678063E-01 a      1284     1    16     2     4
  3.2097360409332715E-01 a      1285     1    16     2     5
  2.5080382100863585E-01 a      1286     1    16     2     6
  2.4976895661281001E-01 a      1287     1    16     2     7
 -2.1144568521608291E+00 a      1288     1    16     2     8
  1.1726095672007804E-01 a      1289     1    16     2     9
  6.4386292249912147E-01 a      1290     1    16     2    10
  1.4351664934089464E-02 a      1291     1    16     2    11
 -5.2963666761805028E-01 a      1292     1    16     2    12
 -1.4900508337289164E-01 a      1293     1    16     2    13
 -5.2904976115252300E-01 a      1294     1    16     2    14
  5.4004375247037184E-01 a      1295     1    16     2    15
 -3.4429396270236889E-01 a      1296     1    16     2    16
 -9.7214676621903129E-01 b      1297     2     1
 -1.7437774349722466E+00 b      1298     2     2
  5.2871191201258383E-01 b      1299     2     3
  1.4246203700570936E+00 b      1300     2     4
 -1.0611903696531311E+00 b      1301     2     5
  3.0318783347597333E-01 b      1302     2     6
 -2.1782206583780126E+00 b      1303     2     7
  1.8895338599354816E+00 b      1304     2     8
  1.8257445806246073E-01 b      1305     2     9
  5.3555306394215751E-01 b      1306     2    10
 -5.4174330278470961E-01 b      1307     2    11
  1.2112684829606123E-01 b      1308     2    12
 -1.3126469826507265E+00 b      1309     2    13
 -7.3739928129226640E-01 b      1310     2    14
 -1.3971923609648431E+00 b      1311     2    15
 -9.8517657412037885E-01 b      1312     2    16
  7.4706359649234244E-01 a      1313     2     1     3     1
 -3.6059193398670353E-01 a      1314     2     2     3     1
  4.5360458176765056E-01 a      1315     2     3     3     1
 -4.6621189456698943E-02 a      1316     2     4     3     1
 -3.4479389031324625E-01 a      1317     2     5     3     1
 -7.5610671607474544E-01 a      1318     2     6     3     1
  8.9802766049139462E-02 a      1319     2     7     3     1
 -7.6705198255962537E-01 a      1320     2     8     3     1
  5.6644457008430860E-01 a      1321     2     9     3     1
 -4.7378325393241126E-02 a      1322     2    10     3     1
 -2.2631625212673856E-01 a      1323     2    11     3     1
  1.8873761765622243E-01 a      1324     2    12     3     1
 -6.6294050750976341E-01 a      1325     2    13     3     1
  2.2403018394679339E-01 a      1326     2    14     3     1
  3.6390976230466376E-01 a      1327     2    15     3     1
 -3.9641528298507356E-01 a      1328     2    16     3     1
 -8.3377267865074156E-02 b      1329     3     1
