################################################################################
# Neural network connection values (weights and biases).
################################################################################
# Col  Name       Description
################################################################################
# 1    connection Neural network connection value.
# 2    t          Connection type (a = weight, b = bias).
# 3    index      Index enumerating weights.
# 4    l_s        Starting point layer (end point layer for biases).
# 5    n_s        Starting point neuron in starting layer (end point neuron for biases).
# 6    l_e        End point layer.
# 7    n_e        End point neuron in end layer.
################################################################################
#                      1 2         3     4     5     6     7
#             connection t     index   l_s   n_s   l_e   n_e
############################################################
  6.0662527708938585E-01 a         1     0     1     1     1
 -3.5922553398849364E+00 a         2     0     1     1     2
 -5.6392989447062787E+00 a         3     0     1     1     3
 -3.1938602676821328E+00 a         4     0     1     1     4
 -8.0011465863155745E-02 a         5     0     1     1     5
  3.0727665174707606E+00 a         6     0     1     1     6
  1.8294047319219811E+00 a         7     0     1     1     7
  4.2324856612652262E+00 a         8     0     1     1     8
 -4.4229082852393455E+00 a         9     0     1     1     9
 -5.4483777606472685E+00 a        10     0     1     1    10
  1.2666776936932669E+01 a        11     0     1     1    11
  8.1718270371153423E-01 a        12     0     1     1    12
  8.2254890138898542E+00 a        13     0     1     1    13
  4.5301058643696299E+00 a        14     0     1     1    14
 -1.8506315190159899E+00 a        15     0     1     1    15
  6.3983415214171986E+00 a        16     0     1     1    16
  5.7879452657672781E+00 a        17     0     2     1     1
 -3.2943089162454533E+00 a        18     0     2     1     2
  1.0156550860184339E+00 a        19     0     2     1     3
 -7.8639874948865796E+00 a        20     0     2     1     4
  2.3349022167141462E+00 a        21     0     2     1     5
  1.2210946336236117E+00 a        22     0     2     1     6
  3.8450526941446872E-01 a        23     0     2     1     7
  1.6782788621566105E+00 a        24     0     2     1     8
  1.5543154656402942E+00 a        25     0     2     1     9
 -4.0119487738352771E-01 a        26     0     2     1    10
  1.1719061189110418E+00 a        27     0     2     1    11
  3.9019438482467264E+00 a        28     0     2     1    12
  7.0513335563880846E+00 a        29     0     2     1    13
 -7.1279778115460735E+00 a        30     0     2     1    14
 -1.8332042369255293E+00 a        31     0     2     1    15
  6.7177440205896888E+00 a        32     0     2     1    16
  5.2344291375444882E+00 a        33     0     3     1     1
 -6.8223647915339027E+00 a        34     0     3     1     2
 -2.2029706844991641E+00 a        35     0     3     1     3
 -8.4190109123884818E-02 a        36     0     3     1     4
 -2.8321191521056949E-01 a        37     0     3     1     5
 -5.2062698473942126E-01 a        38     0     3     1     6
 -1.3385549601652518E+00 a        39     0     3     1     7
 -2.4572531012621281E+00 a        40     0     3     1     8
 -2.3503869096004721E+00 a        41     0     3     1     9
 -3.0379488037395332E+00 a        42     0     3     1    10
 -3.9620034653363669E+00 a        43     0     3     1    11
 -4.7689802466107132E+00 a        44     0     3     1    12
  3.0723267985459302E+00 a        45     0     3     1    13
  6.6508713647469468E+00 a        46     0     3     1    14
 -7.1162421089403216E-01 a        47     0     3     1    15
  3.0620052294307252E+00 a        48     0     3     1    16
 -3.6800938502272649E+00 a        49     0     4     1     1
  7.6532672953156178E-01 a        50     0     4     1     2
  3.7218466880782999E+00 a        51     0     4     1     3
  6.7161921272495562E-01 a        52     0     4     1     4
  1.5307447218165142E+00 a        53     0     4     1     5
 -1.2735514396074359E+00 a        54     0     4     1     6
 -9.3458282314714758E-01 a        55     0     4     1     7
 -7.8554059409558308E-01 a        56     0     4     1     8
  7.2208659608338168E+00 a        57     0     4     1     9
  3.8678623748533032E+00 a        58     0     4     1    10
 -1.5454128114383568E+01 a        59     0     4     1    11
 -2.4166902795201445E-01 a        60     0     4     1    12
 -1.2086902022659000E+01 a        61     0     4     1    13
 -5.4103258464247590E+00 a        62     0     4     1    14
  1.7663439444872140E+00 a        63     0     4     1    15
 -3.8893410080811135E+00 a        64     0     4     1    16
 -6.7955838750526194E+00 a        65     0     5     1     1
  4.0466655172196422E+00 a        66     0     5     1     2
 -3.3754152833199629E+00 a        67     0     5     1     3
  9.1122813535237537E+00 a        68     0     5     1     4
 -1.7030505299760759E+00 a        69     0     5     1     5
 -5.0652029254613240E-01 a        70     0     5     1     6
  2.0136808312521142E+00 a        71     0     5     1     7
  7.7697704144721351E+00 a        72     0     5     1     8
 -1.8907288042008239E+00 a        73     0     5     1     9
  2.2896611161576081E+00 a        74     0     5     1    10
 -8.3999054761370540E-01 a        75     0     5     1    11
 -4.1880597809968716E+00 a        76     0     5     1    12
 -5.6767548900409937E+00 a        77     0     5     1    13
  9.2083441555487830E+00 a        78     0     5     1    14
  2.7665170265362855E+00 a        79     0     5     1    15
 -7.9279038674008717E+00 a        80     0     5     1    16
  1.3302283754548074E+00 a        81     0     6     1     1
  2.8426413865145039E-01 a        82     0     6     1     2
 -2.8897347632786824E-01 a        83     0     6     1     3
  1.5349003472548611E-01 a        84     0     6     1     4
 -1.0875698836753307E+00 a        85     0     6     1     5
 -4.1865736117277647E-01 a        86     0     6     1     6
  8.4142647128289161E-01 a        87     0     6     1     7
  6.4354151574764984E-01 a        88     0     6     1     8
 -2.1830798193779679E+00 a        89     0     6     1     9
  4.5404692229117506E-02 a        90     0     6     1    10
  3.7349072056473918E+00 a        91     0     6     1    11
  1.2699425695635491E-01 a        92     0     6     1    12
  3.6971014561082818E+00 a        93     0     6     1    13
  1.2095878565270382E+00 a        94     0     6     1    14
 -5.6013726508506956E-01 a        95     0     6     1    15
  6.2171682581482846E-01 a        96     0     6     1    16
 -3.0418526064733813E+00 a        97     0     7     1     1
  3.6871844478730775E+00 a        98     0     7     1     2
  1.6017924129761032E+00 a        99     0     7     1     3
  5.9919881570976397E-01 a       100     0     7     1     4
  4.3932815794078417E-01 a       101     0     7     1     5
 -1.3425697232215272E-01 a       102     0     7     1     6
  3.5807581457089493E-01 a       103     0     7     1     7
  7.5029555492131517E-01 a       104     0     7     1     8
  6.6309342006194727E-01 a       105     0     7     1     9
  2.4835759536512989E+00 a       106     0     7     1    10
  1.1958688764463372E+00 a       107     0     7     1    11
  2.2251226063658871E+00 a       108     0     7     1    12
 -9.0055916844023387E-01 a       109     0     7     1    13
 -1.4691984929813204E+00 a       110     0     7     1    14
  9.3605218116009359E-02 a       111     0     7     1    15
 -1.1017447108875957E+00 a       112     0     7     1    16
 -9.2421708959986182E-01 a       113     0     8     1     1
 -5.4472422233212807E+00 a       114     0     8     1     2
 -3.5429700105907297E-01 a       115     0     8     1     3
 -5.7288133653450020E+00 a       116     0     8     1     4
 -5.7837422406304184E-01 a       117     0     8     1     5
 -3.1284772368909310E+00 a       118     0     8     1     6
 -4.3801245885171231E-01 a       119     0     8     1     7
 -1.1404520574395779E+01 a       120     0     8     1     8
 -6.2059816424421099E-01 a       121     0     8     1     9
  4.6449369015998154E-01 a       122     0     8     1    10
 -1.2548326934857146E+00 a       123     0     8     1    11
  3.2643655514530940E+00 a       124     0     8     1    12
 -1.1892450375995032E+00 a       125     0     8     1    13
 -6.0774843934217904E+00 a       126     0     8     1    14
 -1.7831777032985532E+00 a       127     0     8     1    15
  4.8299324730429536E+00 a       128     0     8     1    16
  5.2074920224672612E+00 a       129     0     9     1     1
  4.0217735485056769E+00 a       130     0     9     1     2
  1.0377358919058119E+01 a       131     0     9     1     3
  3.6252128625412308E+00 a       132     0     9     1     4
 -4.1812104453719690E-01 a       133     0     9     1     5
 -2.6171786530451224E+00 a       134     0     9     1     6
 -7.4367848946570705E+00 a       135     0     9     1     7
 -4.4023222524515448E+00 a       136     0     9     1     8
 -3.9774971167610196E+00 a       137     0     9     1     9
 -7.3373912459636037E-02 a       138     0     9     1    10
 -1.5074338460920298E+00 a       139     0     9     1    11
  7.3262927197060908E+00 a       140     0     9     1    12
 -9.3301207074980164E-01 a       141     0     9     1    13
  4.3637042387766822E-01 a       142     0     9     1    14
  1.5425501769319605E+00 a       143     0     9     1    15
 -1.4306163184370941E+01 a       144     0     9     1    16
 -5.8752082453774224E-01 a       145     0    10     1     1
  7.4466622173466366E+00 a       146     0    10     1     2
  1.0830394682507922E+01 a       147     0    10     1     3
  6.7161829237009929E+00 a       148     0    10     1     4
 -3.1768454973658614E-02 a       149     0    10     1     5
  1.2074066878428322E+00 a       150     0    10     1     6
 -1.4113512733367530E+00 a       151     0    10     1     7
 -6.5794452160220471E+00 a       152     0    10     1     8
  1.4793374616244388E+00 a       153     0    10     1     9
 -1.2525596546230730E+01 a       154     0    10     1    10
 -4.4575580092301742E-01 a       155     0    10     1    11
  2.0284301785571661E+00 a       156     0    10     1    12
 -3.1587649919521574E+00 a       157     0    10     1    13
  5.4226780065689240E-01 a       158     0    10     1    14
 -9.5432199245796812E-01 a       159     0    10     1    15
 -1.0951624879728577E+01 a       160     0    10     1    16
  1.3167301784914243E+00 a       161     0    11     1     1
  8.7023539195644588E+00 a       162     0    11     1     2
 -3.6017311476717850E+00 a       163     0    11     1     3
  1.0584793105737003E+01 a       164     0    11     1     4
 -4.8148051852661444E+00 a       165     0    11     1     5
  1.6154634525284269E+01 a       166     0    11     1     6
  5.4168773575035658E+00 a       167     0    11     1     7
 -1.4405869041166037E+00 a       168     0    11     1     8
 -1.5809554458860575E+00 a       169     0    11     1     9
 -9.1120424908486211E+00 a       170     0    11     1    10
  6.9813391298814400E+00 a       171     0    11     1    11
  1.8198261683141318E+01 a       172     0    11     1    12
  2.1153217565180600E+00 a       173     0    11     1    13
 -9.8796909509600912E+00 a       174     0    11     1    14
 -2.1928879105421051E+00 a       175     0    11     1    15
 -1.2229717346507226E+01 a       176     0    11     1    16
 -1.5650000229255891E+01 a       177     0    12     1     1
  2.7575580558869383E+01 a       178     0    12     1     2
 -1.3789570606698067E+01 a       179     0    12     1     3
 -3.6812539041449073E+00 a       180     0    12     1     4
  1.2683940984391324E+01 a       181     0    12     1     5
 -1.5973715528047496E+01 a       182     0    12     1     6
 -2.7231077301985613E+00 a       183     0    12     1     7
  2.8068638558087455E+00 a       184     0    12     1     8
  1.8990460823457724E+00 a       185     0    12     1     9
  2.5838221995448531E+00 a       186     0    12     1    10
  1.6502716021443764E+01 a       187     0    12     1    11
  1.7852568632350952E+01 a       188     0    12     1    12
 -2.2026625346058011E+00 a       189     0    12     1    13
 -1.4584129545735612E+01 a       190     0    12     1    14
  1.3796698766585301E+01 a       191     0    12     1    15
  7.2674857997786644E+00 a       192     0    12     1    16
  1.0881582364086299E+01 a       193     0    13     1     1
  6.3284424331420208E+00 a       194     0    13     1     2
  3.6377535781088612E+00 a       195     0    13     1     3
 -4.2450271758696294E+00 a       196     0    13     1     4
  3.3299006079216809E+00 a       197     0    13     1     5
 -8.9022218244606375E+00 a       198     0    13     1     6
  5.6595800530526219E+00 a       199     0    13     1     7
  6.6128722623418454E+00 a       200     0    13     1     8
 -3.3297844677051835E+00 a       201     0    13     1     9
 -1.1117694189278128E+01 a       202     0    13     1    10
 -3.3908839086386194E-01 a       203     0    13     1    11
  3.4892224493130719E+00 a       204     0    13     1    12
  6.1675935163357645E+00 a       205     0    13     1    13
  2.1217178604907643E+00 a       206     0    13     1    14
 -1.2873444117096591E+00 a       207     0    13     1    15
 -1.3726197400139724E+00 a       208     0    13     1    16
  9.6929134473589666E+00 a       209     0    14     1     1
 -1.0791613873874304E+01 a       210     0    14     1     2
 -4.1131790124776307E-01 a       211     0    14     1     3
 -1.1493909847049039E+01 a       212     0    14     1     4
 -3.2668875112676368E+00 a       213     0    14     1     5
 -2.5159049622205060E-01 a       214     0    14     1     6
 -5.5914764979875228E-02 a       215     0    14     1     7
  8.1839461478105662E+00 a       216     0    14     1     8
 -2.0492314180431176E-01 a       217     0    14     1     9
 -7.5326641327562482E-01 a       218     0    14     1    10
  2.4464796125323282E-01 a       219     0    14     1    11
  1.9544453522210226E+00 a       220     0    14     1    12
  6.1316768603113072E+00 a       221     0    14     1    13
 -6.6789830775937080E+00 a       222     0    14     1    14
 -6.2653164774566470E+00 a       223     0    14     1    15
  5.2687244873079928E+00 a       224     0    14     1    16
 -4.0102405285403691E+01 a       225     0    15     1     1
  1.6983866997785544E+01 a       226     0    15     1     2
 -1.8001309430319008E+01 a       227     0    15     1     3
 -7.6229599712743923E+00 a       228     0    15     1     4
  1.0021808648552664E+01 a       229     0    15     1     5
 -1.5512575310256269E+00 a       230     0    15     1     6
  1.1500551278528206E+01 a       231     0    15     1     7
 -1.4819233032659941E+01 a       232     0    15     1     8
 -1.7399682103394451E+01 a       233     0    15     1     9
  1.3888505223299315E+01 a       234     0    15     1    10
  1.1364239464918303E+01 a       235     0    15     1    11
  1.4028445478407912E+01 a       236     0    15     1    12
  1.1114318921205818E+01 a       237     0    15     1    13
 -2.5635383073673022E+01 a       238     0    15     1    14
  2.3901438257010160E+01 a       239     0    15     1    15
 -6.9627152488926676E+00 a       240     0    15     1    16
  2.3421516631319590E+00 a       241     0    16     1     1
 -2.5460906343755627E+00 a       242     0    16     1     2
 -1.1800756835325481E+00 a       243     0    16     1     3
 -4.6473087485204694E+00 a       244     0    16     1     4
 -5.3760307382078265E-01 a       245     0    16     1     5
  1.3428827569575328E+00 a       246     0    16     1     6
 -1.4288833290401450E+00 a       247     0    16     1     7
  2.3020530180857195E+00 a       248     0    16     1     8
 -1.9998109232334103E+00 a       249     0    16     1     9
 -6.1271562586106354E-01 a       250     0    16     1    10
 -2.1834579020384322E+00 a       251     0    16     1    11
 -1.3163350393060697E-01 a       252     0    16     1    12
  1.8769658528419172E-01 a       253     0    16     1    13
 -1.8524359434383326E+00 a       254     0    16     1    14
 -1.2515293803926564E+00 a       255     0    16     1    15
  2.2611589501693445E+00 a       256     0    16     1    16
  5.2599270248849885E+00 a       257     0    17     1     1
 -4.8793210346503120E+00 a       258     0    17     1     2
 -1.7541099833187992E+00 a       259     0    17     1     3
 -5.8388400348468625E+00 a       260     0    17     1     4
 -1.8176497125483269E+00 a       261     0    17     1     5
  1.6986078841626642E+00 a       262     0    17     1     6
  9.0073269889259144E-01 a       263     0    17     1     7
  4.6077576249749255E+00 a       264     0    17     1     8
 -3.2095884127322996E+00 a       265     0    17     1     9
  2.8863881214135728E-01 a       266     0    17     1    10
 -1.3135458732358272E+00 a       267     0    17     1    11
  1.3889618640292540E+00 a       268     0    17     1    12
  2.6418307606815317E+00 a       269     0    17     1    13
 -2.9326354288143492E+00 a       270     0    17     1    14
 -2.4395919078467432E+00 a       271     0    17     1    15
  4.1615998026472649E+00 a       272     0    17     1    16
  2.3263082058363866E+00 a       273     0    18     1     1
  4.4523040550012496E+00 a       274     0    18     1     2
  1.3949183570341583E-01 a       275     0    18     1     3
 -9.8765788634884233E-01 a       276     0    18     1     4
  1.0726914142157100E-01 a       277     0    18     1     5
 -6.0212636848306234E-01 a       278     0    18     1     6
  7.9834056967892653E-01 a       279     0    18     1     7
 -2.1165654416314639E+00 a       280     0    18     1     8
 -2.4429700685709053E+00 a       281     0    18     1     9
  6.5540262732321564E-01 a       282     0    18     1    10
  4.1272497191584474E+00 a       283     0    18     1    11
  2.1185958268168963E+00 a       284     0    18     1    12
  1.0161597946023913E+00 a       285     0    18     1    13
  8.9515743363521549E-01 a       286     0    18     1    14
  3.3143007397178246E+00 a       287     0    18     1    15
  2.2278965680619862E+00 a       288     0    18     1    16
 -6.6252694710539928E-01 a       289     0    19     1     1
  1.0116424131289072E+01 a       290     0    19     1     2
 -1.7624082983960790E+01 a       291     0    19     1     3
  1.4276869610406822E+00 a       292     0    19     1     4
 -4.2239258879116115E-01 a       293     0    19     1     5
  1.1687743671927131E-01 a       294     0    19     1     6
  9.8590239639049422E+00 a       295     0    19     1     7
 -7.9236895936106801E+00 a       296     0    19     1     8
  8.0578338975130421E+00 a       297     0    19     1     9
  4.4630057304958308E+00 a       298     0    19     1    10
  6.0422268158467753E+00 a       299     0    19     1    11
 -1.1394584015764273E+01 a       300     0    19     1    12
 -8.4842350710673908E-01 a       301     0    19     1    13
 -6.4365298323394615E+00 a       302     0    19     1    14
  2.8538835375785565E+00 a       303     0    19     1    15
  9.2030385321256016E+00 a       304     0    19     1    16
 -6.7363787639210315E+00 a       305     0    20     1     1
  4.1371307178787609E+00 a       306     0    20     1     2
 -2.1850489306242547E+01 a       307     0    20     1     3
  1.5928636615915961E+00 a       308     0    20     1     4
  2.6121383543138119E+00 a       309     0    20     1     5
  2.0612979521195411E+00 a       310     0    20     1     6
 -7.7386430647443172E+00 a       311     0    20     1     7
 -3.8049757630305456E+00 a       312     0    20     1     8
 -5.4329865076263086E+00 a       313     0    20     1     9
  2.7254228155236969E+01 a       314     0    20     1    10
 -9.7471951340009733E-01 a       315     0    20     1    11
 -1.0650483554417576E+01 a       316     0    20     1    12
 -5.4562018431991621E+00 a       317     0    20     1    13
  1.1034463849975495E+01 a       318     0    20     1    14
  1.3842905238373904E+01 a       319     0    20     1    15
 -1.2620891884521879E+00 a       320     0    20     1    16
 -3.1732825972434391E+00 a       321     0    21     1     1
  8.3389994454264667E+00 a       322     0    21     1     2
  1.2887018203015046E+01 a       323     0    21     1     3
 -1.4325149925370233E+01 a       324     0    21     1     4
  1.4670485105386264E+01 a       325     0    21     1     5
 -2.5006070654624928E+01 a       326     0    21     1     6
 -1.2244900806965006E+01 a       327     0    21     1     7
  8.9796928817083881E+00 a       328     0    21     1     8
  5.9295074974456963E-01 a       329     0    21     1     9
  3.6994327808458763E+01 a       330     0    21     1    10
 -3.5366935138364952E+00 a       331     0    21     1    11
 -3.3218566520396735E+01 a       332     0    21     1    12
 -1.2246713947883750E+01 a       333     0    21     1    13
  4.6571856042662461E+00 a       334     0    21     1    14
  2.3272223644530069E+01 a       335     0    21     1    15
  1.4475517640966348E+01 a       336     0    21     1    16
 -4.6728782066087184E+00 a       337     0    22     1     1
 -3.2526864306769738E+00 a       338     0    22     1     2
  7.4931586837173594E+00 a       339     0    22     1     3
  7.4212073900487043E+00 a       340     0    22     1     4
  5.2551980278879050E-02 a       341     0    22     1     5
  5.8370803249247809E-02 a       342     0    22     1     6
 -4.2134948465279090E+00 a       343     0    22     1     7
 -2.1591065516090624E+00 a       344     0    22     1     8
 -1.2539605065980803E+00 a       345     0    22     1     9
  3.1576843440237505E+00 a       346     0    22     1    10
  4.8643981823127262E+00 a       347     0    22     1    11
  2.7702747009299404E+00 a       348     0    22     1    12
  2.1946351579179990E-01 a       349     0    22     1    13
  5.2138990366027445E+00 a       350     0    22     1    14
  1.0630494635302414E-01 a       351     0    22     1    15
 -4.8755534032644610E+00 a       352     0    22     1    16
  9.0670879844933943E+00 a       353     0    23     1     1
 -2.4669687971692699E+01 a       354     0    23     1     2
  2.5808743914083770E+01 a       355     0    23     1     3
  1.4844320349094566E+01 a       356     0    23     1     4
 -1.0630816516669430E+01 a       357     0    23     1     5
  1.5547083797342932E+01 a       358     0    23     1     6
  6.9981415094491437E+00 a       359     0    23     1     7
 -7.5476825769908062E+00 a       360     0    23     1     8
  4.0281435158586172E+00 a       361     0    23     1     9
 -1.4911400243500008E+01 a       362     0    23     1    10
 -1.6197928020075032E+01 a       363     0    23     1    11
 -1.7303423550297875E+01 a       364     0    23     1    12
  1.2495887158362489E+00 a       365     0    23     1    13
  1.7627097312003603E+01 a       366     0    23     1    14
 -1.6735878810551821E+01 a       367     0    23     1    15
 -1.0450506610260177E+01 a       368     0    23     1    16
  1.1796835085574198E+01 a       369     0    24     1     1
 -1.1280760339093097E+01 a       370     0    24     1     2
  1.6270072275540652E+00 a       371     0    24     1     3
  1.2214286061753965E+01 a       372     0    24     1     4
 -1.0218219694612886E+01 a       373     0    24     1     5
  1.3232787116918265E+01 a       374     0    24     1     6
  2.6056096838802127E+00 a       375     0    24     1     7
  4.1170490902021903E+00 a       376     0    24     1     8
  7.7919011312815236E+00 a       377     0    24     1     9
 -1.7696710825654893E+01 a       378     0    24     1    10
 -4.3043958483802065E+00 a       379     0    24     1    11
  6.6207067547500218E+00 a       380     0    24     1    12
  8.9091550570153444E-01 a       381     0    24     1    13
  4.2240392999960790E+00 a       382     0    24     1    14
 -1.8252770525075121E+01 a       383     0    24     1    15
 -4.6221163653488091E+00 a       384     0    24     1    16
  1.5535783300065438E+00 a       385     0    25     1     1
 -1.3573634720896639E+00 a       386     0    25     1     2
  1.5983082763422722E+00 a       387     0    25     1     3
 -3.6814678248857833E+00 a       388     0    25     1     4
 -1.8749068834935005E+00 a       389     0    25     1     5
  2.1378669686915708E+00 a       390     0    25     1     6
 -1.8238234078186615E+00 a       391     0    25     1     7
  2.8649216906809358E+00 a       392     0    25     1     8
 -1.9900435571738844E+00 a       393     0    25     1     9
  2.8466852619739547E-01 a       394     0    25     1    10
 -3.8363845314816665E+00 a       395     0    25     1    11
  9.6335108277605641E-01 a       396     0    25     1    12
 -5.1575834721080105E-01 a       397     0    25     1    13
 -2.1498351953487669E+00 a       398     0    25     1    14
 -3.2472565681284299E-01 a       399     0    25     1    15
  8.4823302534605416E-01 a       400     0    25     1    16
  3.5554252912034165E+00 a       401     0    26     1     1
  1.1445932346073366E+00 a       402     0    26     1     2
  2.3859702233875724E+00 a       403     0    26     1     3
 -3.8050683599676565E+00 a       404     0    26     1     4
 -1.1921935523236986E+00 a       405     0    26     1     5
  2.7628262978345850E+00 a       406     0    26     1     6
  9.0799645914630300E-01 a       407     0    26     1     7
  1.9461771480786081E+00 a       408     0    26     1     8
 -1.0814308058118518E+00 a       409     0    26     1     9
 -2.4254714305846754E+00 a       410     0    26     1    10
 -3.5717768747897765E+00 a       411     0    26     1    11
  1.8733645614407266E+00 a       412     0    26     1    12
  4.3335589347514603E-01 a       413     0    26     1    13
 -3.0987008589333143E+00 a       414     0    26     1    14
 -1.4100831926316151E-01 a       415     0    26     1    15
  2.8105775452165673E+00 a       416     0    26     1    16
  5.4980323844172361E+00 a       417     0    27     1     1
  4.9257060770165584E+00 a       418     0    27     1     2
  2.8929077366874396E+00 a       419     0    27     1     3
  7.2084663343474276E-01 a       420     0    27     1     4
 -1.3207517163949687E+00 a       421     0    27     1     5
  2.8015166455563212E+00 a       422     0    27     1     6
  6.1415277500097254E-01 a       423     0    27     1     7
  8.1797776073856809E-01 a       424     0    27     1     8
  1.2803011170750909E+00 a       425     0    27     1     9
 -2.8991296403146349E+00 a       426     0    27     1    10
 -1.4503314753576976E-01 a       427     0    27     1    11
  3.4556636005727506E+00 a       428     0    27     1    12
 -8.9939624901928383E-01 a       429     0    27     1    13
  4.3591393932414346E-01 a       430     0    27     1    14
  8.4029846950035597E-02 a       431     0    27     1    15
  2.8442432300917884E+00 a       432     0    27     1    16
 -1.9443372069633309E+00 a       433     0    28     1     1
  1.2546797952260624E+00 a       434     0    28     1     2
  1.2381238305099416E+00 a       435     0    28     1     3
  3.8515150837139176E+00 a       436     0    28     1     4
  1.5821332882462922E+00 a       437     0    28     1     5
 -2.4963487729815310E+00 a       438     0    28     1     6
  1.5645077260881624E+00 a       439     0    28     1     7
 -1.2378841319793397E+00 a       440     0    28     1     8
  1.7522778576240221E+00 a       441     0    28     1     9
 -1.6461182187768459E+00 a       442     0    28     1    10
  9.1774962461389409E-01 a       443     0    28     1    11
  1.0456071056626826E+00 a       444     0    28     1    12
  5.7753944977427130E-01 a       445     0    28     1    13
  2.7568550021371694E+00 a       446     0    28     1    14
  5.3696293243412430E-01 a       447     0    28     1    15
 -4.2208976069971698E+00 a       448     0    28     1    16
 -5.5067488135378229E+00 a       449     0    29     1     1
  4.1456309543201595E+00 a       450     0    29     1     2
 -5.6247851194436815E-01 a       451     0    29     1     3
  2.3456002075208193E+00 a       452     0    29     1     4
  1.5222569533810817E+00 a       453     0    29     1     5
 -6.3409725220837405E+00 a       454     0    29     1     6
 -7.4402416563712304E-01 a       455     0    29     1     7
 -7.0172960429590980E-01 a       456     0    29     1     8
  3.5867403047005202E+00 a       457     0    29     1     9
 -4.2449085586306540E-01 a       458     0    29     1    10
  5.0150223459033372E+00 a       459     0    29     1    11
  2.3550783403151181E+00 a       460     0    29     1    12
 -1.4961217652187928E+00 a       461     0    29     1    13
 -1.9826644982085662E+00 a       462     0    29     1    14
  1.2372865547716601E+00 a       463     0    29     1    15
 -3.8644227639473168E+00 a       464     0    29     1    16
 -1.1101834328302582E+01 a       465     0    30     1     1
 -7.6647709831793964E+00 a       466     0    30     1     2
 -7.6413251278004779E+00 a       467     0    30     1     3
 -6.0939704678506346E-01 a       468     0    30     1     4
  5.3613433068713290E-01 a       469     0    30     1     5
 -6.9501283784306478E-01 a       470     0    30     1     6
  1.9140541562192921E+00 a       471     0    30     1     7
 -1.8448908988025390E+00 a       472     0    30     1     8
 -2.0670156541628559E+00 a       473     0    30     1     9
 -2.3233012618415985E+00 a       474     0    30     1    10
 -1.2184925461228262E+00 a       475     0    30     1    11
  2.0860040146914702E+00 a       476     0    30     1    12
  9.1513104530044154E-01 a       477     0    30     1    13
 -1.4711468991643590E+00 a       478     0    30     1    14
 -2.6204435120960570E+00 a       479     0    30     1    15
 -6.3959102658334732E+00 a       480     0    30     1    16
 -9.7335596719860238E+00 a       481     0    31     1     1
 -1.1454832745863403E+01 a       482     0    31     1     2
 -5.3763281373188372E+00 a       483     0    31     1     3
 -2.6749169348232531E+00 a       484     0    31     1     4
 -2.7529137251490883E+00 a       485     0    31     1     5
  9.7652559083414356E+00 a       486     0    31     1     6
 -6.5053690973590665E+00 a       487     0    31     1     7
 -2.4500850065020803E+00 a       488     0    31     1     8
  2.5892994866823225E+00 a       489     0    31     1     9
  6.6436268134722365E+00 a       490     0    31     1    10
 -1.8308789073086524E+00 a       491     0    31     1    11
 -2.8183744772935753E+00 a       492     0    31     1    12
 -5.2323064518940630E+00 a       493     0    31     1    13
 -1.5446275244230407E+00 a       494     0    31     1    14
 -7.0691010649572561E-01 a       495     0    31     1    15
  4.6208639419678317E+00 a       496     0    31     1    16
  3.3786890105300081E+01 a       497     0    32     1     1
 -2.2084841581151291E+01 a       498     0    32     1     2
  8.6772133852494893E+00 a       499     0    32     1     3
  9.9884495818156971E-01 a       500     0    32     1     4
 -9.7835132446496154E+00 a       501     0    32     1     5
 -1.5850593164722542E+00 a       502     0    32     1     6
 -1.0068848031189569E+01 a       503     0    32     1     7
  9.5955775463023247E+00 a       504     0    32     1     8
  1.1729635210203208E+01 a       505     0    32     1     9
 -1.6951481932491102E+01 a       506     0    32     1    10
 -1.2269544934426779E+01 a       507     0    32     1    11
 -1.1372236295861322E+01 a       508     0    32     1    12
 -7.3932252018931877E+00 a       509     0    32     1    13
  2.5076845983067585E+01 a       510     0    32     1    14
 -2.3433811397728022E+01 a       511     0    32     1    15
  7.2631700418975660E+00 a       512     0    32     1    16
  7.6946259208328929E+00 a       513     0    33     1     1
  2.4672656741499863E+00 a       514     0    33     1     2
  9.1366644974728772E-01 a       515     0    33     1     3
 -2.9442861737774768E+00 a       516     0    33     1     4
 -1.3397342576603328E+00 a       517     0    33     1     5
 -2.2014001505289653E+00 a       518     0    33     1     6
 -3.4243454407728122E+00 a       519     0    33     1     7
  7.1500940612217994E+00 a       520     0    33     1     8
  7.3000323096134567E-01 a       521     0    33     1     9
 -1.1514825814871630E+00 a       522     0    33     1    10
  1.2467561041305515E+00 a       523     0    33     1    11
 -3.2425641370645817E+00 a       524     0    33     1    12
  2.7121492789268942E+00 a       525     0    33     1    13
  1.2782597433954896E+00 a       526     0    33     1    14
  1.6842610426678715E+00 a       527     0    33     1    15
  5.1835975332134741E+00 a       528     0    33     1    16
  7.1056227472511779E-01 a       529     0    34     1     1
  3.0062281564213176E-02 a       530     0    34     1     2
 -1.3134249918591001E-01 a       531     0    34     1     3
 -5.3011023545412750E-01 a       532     0    34     1     4
 -7.8604030016380289E-01 a       533     0    34     1     5
 -3.3534206990711607E-01 a       534     0    34     1     6
 -2.2607989566177322E-01 a       535     0    34     1     7
 -6.8186138937538165E-01 a       536     0    34     1     8
 -7.7474312928828648E-01 a       537     0    34     1     9
  4.9412157226001556E-04 a       538     0    34     1    10
  5.4297122693465760E-01 a       539     0    34     1    11
 -9.8886563526753207E-02 a       540     0    34     1    12
  2.5712486908453630E-01 a       541     0    34     1    13
  2.2367606532362916E-01 a       542     0    34     1    14
  4.5191168064565093E-02 a       543     0    34     1    15
 -1.7440824448710673E-01 a       544     0    34     1    16
 -1.6349036747529042E+00 a       545     0    35     1     1
  1.8492005721772825E-01 a       546     0    35     1     2
  1.8395167126215828E-01 a       547     0    35     1     3
  1.3969350231446243E+00 a       548     0    35     1     4
  6.6141506577888587E-01 a       549     0    35     1     5
  1.1317972345295713E+00 a       550     0    35     1     6
  2.6490139140601759E-01 a       551     0    35     1     7
 -1.6526014223007799E+00 a       552     0    35     1     8
  2.3581692739579466E-01 a       553     0    35     1     9
  4.3783751997005504E-01 a       554     0    35     1    10
  1.5248264471613684E+00 a       555     0    35     1    11
  4.0198953922232927E-01 a       556     0    35     1    12
  1.7214352657324242E-01 a       557     0    35     1    13
  1.0097468617241914E+00 a       558     0    35     1    14
 -1.8924921341060560E-01 a       559     0    35     1    15
 -2.3388773929385192E+00 a       560     0    35     1    16
  3.2573948430482585E-01 a       561     0    36     1     1
  2.3519553083137060E-01 a       562     0    36     1     2
  5.2279353037713604E-02 a       563     0    36     1     3
  1.1889972509189819E+00 a       564     0    36     1     4
  4.5677594145191286E-01 a       565     0    36     1     5
  8.4357286508728135E-01 a       566     0    36     1     6
  8.5792550328823172E-02 a       567     0    36     1     7
 -2.6380058888777533E+00 a       568     0    36     1     8
  8.0140307594801733E-03 a       569     0    36     1     9
  5.8088039823959448E-01 a       570     0    36     1    10
  1.3919430129304766E-01 a       571     0    36     1    11
 -1.1696315371395620E-01 a       572     0    36     1    12
 -5.5155691345115776E-01 a       573     0    36     1    13
 -1.4190154433609442E-01 a       574     0    36     1    14
  5.5622931408118692E-01 a       575     0    36     1    15
 -6.9789595937658777E-01 a       576     0    36     1    16
 -3.4843137878573099E-01 a       577     0    37     1     1
 -7.0550912150720713E-01 a       578     0    37     1     2
 -1.4052357612467503E+00 a       579     0    37     1     3
  2.4379537723732922E+00 a       580     0    37     1     4
  6.1502026281764266E-01 a       581     0    37     1     5
  1.6199469715919148E+00 a       582     0    37     1     6
  7.3541342003649057E-01 a       583     0    37     1     7
 -3.6299208075194672E-01 a       584     0    37     1     8
 -6.4051529844060739E-01 a       585     0    37     1     9
 -1.4959255501444618E-01 a       586     0    37     1    10
  7.7835083831228014E-01 a       587     0    37     1    11
 -8.6252137825298425E-01 a       588     0    37     1    12
 -1.9762173764885467E+00 a       589     0    37     1    13
 -1.9850463049183682E+00 a       590     0    37     1    14
  1.5468382162520893E+00 a       591     0    37     1    15
 -1.5757045195466027E-01 a       592     0    37     1    16
 -1.3838438277203396E-01 a       593     0    38     1     1
 -1.2885853096913011E+00 a       594     0    38     1     2
  3.0380321155580703E-01 a       595     0    38     1     3
 -1.6452431762429125E+00 a       596     0    38     1     4
 -1.7515062546876821E+00 a       597     0    38     1     5
  9.8298314864973124E-01 a       598     0    38     1     6
  1.8153898921165157E+00 a       599     0    38     1     7
  4.2105755382554486E+00 a       600     0    38     1     8
 -2.8143492991689936E+00 a       601     0    38     1     9
 -5.8206675237818473E-01 a       602     0    38     1    10
 -4.0455845689903542E+00 a       603     0    38     1    11
 -5.3368275216016359E-01 a       604     0    38     1    12
 -1.1217160412473492E+00 a       605     0    38     1    13
  4.5637329056272818E-01 a       606     0    38     1    14
 -1.3531303692437300E+00 a       607     0    38     1    15
  3.3754550162135324E+00 a       608     0    38     1    16
  7.1614118774168345E-01 a       609     0    39     1     1
  1.6223529144915998E+00 a       610     0    39     1     2
  6.1946306376665061E-01 a       611     0    39     1     3
  2.6734925282517819E-01 a       612     0    39     1     4
  1.6367391383800067E+00 a       613     0    39     1     5
  1.8089655736060541E+00 a       614     0    39     1     6
 -9.6392270046127715E-01 a       615     0    39     1     7
  9.4020748372498786E-01 a       616     0    39     1     8
  6.4187303595738721E-01 a       617     0    39     1     9
 -2.4805379440142267E-01 a       618     0    39     1    10
 -3.3590933581169495E+00 a       619     0    39     1    11
 -4.8968247732236447E-01 a       620     0    39     1    12
 -1.4966778319574898E+00 a       621     0    39     1    13
 -3.7981464726130945E+00 a       622     0    39     1    14
  7.7825149246906689E-01 a       623     0    39     1    15
  4.9930904040323498E-01 a       624     0    39     1    16
  1.8533322585404519E+00 a       625     0    40     1     1
  2.9304333896578112E+00 a       626     0    40     1     2
  1.8247511375179644E+00 a       627     0    40     1     3
 -2.3462569165353722E-01 a       628     0    40     1     4
 -2.5497328932290491E+00 a       629     0    40     1     5
  8.9812849483884083E-01 a       630     0    40     1     6
  1.3999444916802961E+00 a       631     0    40     1     7
  3.5723937266056685E+00 a       632     0    40     1     8
 -1.6063547119971944E-01 a       633     0    40     1     9
  1.3526380916843794E+00 a       634     0    40     1    10
 -6.0206949190808636E+00 a       635     0    40     1    11
  2.6308447788209270E+00 a       636     0    40     1    12
 -1.1432186062804132E-01 a       637     0    40     1    13
 -8.3385699823995161E+00 a       638     0    40     1    14
  2.3104283451462146E-01 a       639     0    40     1    15
  3.2281388232727863E+00 a       640     0    40     1    16
 -3.9976150270603186E+00 a       641     0    41     1     1
  5.2272199764689322E+00 a       642     0    41     1     2
  4.6019307194705066E+00 a       643     0    41     1     3
  2.2070428330752287E+00 a       644     0    41     1     4
  2.8022602370811880E+00 a       645     0    41     1     5
  3.4474935027781708E+00 a       646     0    41     1     6
  3.3405351815114498E-01 a       647     0    41     1     7
  5.8227209956589716E+00 a       648     0    41     1     8
  4.3124793118122122E+00 a       649     0    41     1     9
 -2.1716109945686304E+00 a       650     0    41     1    10
 -2.3289503748079334E+00 a       651     0    41     1    11
 -1.0698624053232058E+00 a       652     0    41     1    12
  1.3177578453495424E+00 a       653     0    41     1    13
 -9.2254507809953754E+00 a       654     0    41     1    14
  6.4299505452687900E-01 a       655     0    41     1    15
 -4.1401817478113374E+00 a       656     0    41     1    16
 -3.1436069275032823E+00 a       657     0    42     1     1
  6.0125316591563682E-01 a       658     0    42     1     2
  1.3567228926509869E+00 a       659     0    42     1     3
  5.5266928793567383E-01 a       660     0    42     1     4
  8.0539179554721785E-01 a       661     0    42     1     5
 -3.6081544842717650E-01 a       662     0    42     1     6
  7.7457596899685999E-01 a       663     0    42     1     7
 -1.1702913277936642E+00 a       664     0    42     1     8
  2.1899946276381352E+00 a       665     0    42     1     9
 -2.1304044392447818E+00 a       666     0    42     1    10
  2.4173999721024830E+00 a       667     0    42     1    11
  1.1363414103588472E+00 a       668     0    42     1    12
  1.7861060958932287E+00 a       669     0    42     1    13
 -2.9893121842741084E+00 a       670     0    42     1    14
 -8.3579928004965143E-01 a       671     0    42     1    15
 -3.9303745539324839E+00 a       672     0    42     1    16
 -2.6382223782042630E+01 a       673     0    43     1     1
  4.2172821302862360E+00 a       674     0    43     1     2
  2.7879854326062734E+00 a       675     0    43     1     3
  1.9062136445181068E+00 a       676     0    43     1     4
  3.5272923502359927E+00 a       677     0    43     1     5
 -8.6657360206403116E+00 a       678     0    43     1     6
  9.3563673693403537E-01 a       679     0    43     1     7
 -5.6443660294353348E+00 a       680     0    43     1     8
 -8.3432829190355706E-01 a       681     0    43     1     9
 -1.1727635952820796E+01 a       682     0    43     1    10
  1.0012036253622231E+01 a       683     0    43     1    11
  1.5452607066681621E+01 a       684     0    43     1    12
  1.9344515734769505E+00 a       685     0    43     1    13
  1.8350888034621231E+00 a       686     0    43     1    14
 -1.0751858553405089E+01 a       687     0    43     1    15
 -1.5888385973112765E-02 a       688     0    43     1    16
 -2.3102094823135051E+00 a       689     0    44     1     1
  1.6840786020819907E+00 a       690     0    44     1     2
  5.2521129028654086E+00 a       691     0    44     1     3
  2.3889089023732115E+00 a       692     0    44     1     4
  3.1197190438568145E-01 a       693     0    44     1     5
 -6.1806005552675121E+00 a       694     0    44     1     6
  1.8323189045037869E+00 a       695     0    44     1     7
 -1.7722163968048545E+00 a       696     0    44     1     8
  6.9764544788828928E+00 a       697     0    44     1     9
  1.7341239939150319E+00 a       698     0    44     1    10
  3.8168032593294399E+00 a       699     0    44     1    11
 -1.3093305348752562E+00 a       700     0    44     1    12
  5.1579722064199762E+00 a       701     0    44     1    13
 -1.1664673194226893E+00 a       702     0    44     1    14
  2.2285360603409260E-01 a       703     0    44     1    15
 -4.4952744464131795E+00 a       704     0    44     1    16
 -4.4864456317399631E-01 a       705     0    45     1     1
 -4.3954402239007866E+00 a       706     0    45     1     2
  6.6288218353696793E-01 a       707     0    45     1     3
  2.3661273994135598E-01 a       708     0    45     1     4
 -5.4436280263353147E+00 a       709     0    45     1     5
 -8.1829791355138717E+00 a       710     0    45     1     6
  3.4024875961456353E+00 a       711     0    45     1     7
 -1.2644492009135866E+00 a       712     0    45     1     8
 -2.0133828042935948E+00 a       713     0    45     1     9
  2.1257162670852292E+00 a       714     0    45     1    10
  7.0455291155057562E+00 a       715     0    45     1    11
  7.1778740811384079E-01 a       716     0    45     1    12
  5.8170051399026566E+00 a       717     0    45     1    13
  7.5952808905350979E+00 a       718     0    45     1    14
 -4.1061274811119128E+00 a       719     0    45     1    15
  3.5984537139954864E-01 a       720     0    45     1    16
 -7.2428812320883109E+00 a       721     0    46     1     1
 -2.6275908803788681E+00 a       722     0    46     1     2
 -5.9087256125517081E-02 a       723     0    46     1     3
 -3.1780250310664826E+00 a       724     0    46     1     4
  3.5306330214568349E+00 a       725     0    46     1     5
 -3.7330392369468441E+00 a       726     0    46     1     6
 -1.0956087807750365E+00 a       727     0    46     1     7
 -9.4379616033685748E-02 a       728     0    46     1     8
  9.3328063348499202E-01 a       729     0    46     1     9
 -4.5150921190258950E+00 a       730     0    46     1    10
  6.9638998267674461E+00 a       731     0    46     1    11
 -4.5779662750032069E+00 a       732     0    46     1    12
  8.8906415540681270E+00 a       733     0    46     1    13
  1.2855739274843346E+01 a       734     0    46     1    14
 -1.5983595644812836E+00 a       735     0    46     1    15
 -8.1532131204343390E+00 a       736     0    46     1    16
  4.6023320199469442E+00 a       737     0    47     1     1
 -1.3135137768739746E+01 a       738     0    47     1     2
 -7.7301853206773732E+00 a       739     0    47     1     3
 -1.5912005368658135E+00 a       740     0    47     1     4
 -4.0708343171364261E+00 a       741     0    47     1     5
 -7.9654261770211683E+00 a       742     0    47     1     6
  3.6223203123539078E+00 a       743     0    47     1     7
 -1.3187471652272995E+01 a       744     0    47     1     8
 -4.2331166064744075E+00 a       745     0    47     1     9
  3.8246761023323312E+00 a       746     0    47     1    10
  8.4124073555258789E+00 a       747     0    47     1    11
  3.2684196176363161E+00 a       748     0    47     1    12
 -7.1654015386830281E+00 a       749     0    47     1    13
  1.2931147380090739E+01 a       750     0    47     1    14
 -2.3016835098725550E+00 a       751     0    47     1    15
  3.1512712214894023E+00 a       752     0    47     1    16
  2.4896374015065375E+00 a       753     0    48     1     1
 -4.7975238488571836E+00 a       754     0    48     1     2
 -3.5967436341661876E+00 a       755     0    48     1     3
 -6.9259870088301598E+00 a       756     0    48     1     4
 -1.7169008004500941E+00 a       757     0    48     1     5
 -1.4891624567096134E-01 a       758     0    48     1     6
 -1.1774917883083476E+00 a       759     0    48     1     7
 -4.4888381482181261E+00 a       760     0    48     1     8
 -3.9796367571243478E+00 a       761     0    48     1     9
  1.1552304444255908E+00 a       762     0    48     1    10
 -9.8005896972343418E+00 a       763     0    48     1    11
  2.1625335207023269E+00 a       764     0    48     1    12
 -6.1305477390314538E+00 a       765     0    48     1    13
  3.5703815744935676E+00 a       766     0    48     1    14
 -7.0874343129763639E-01 a       767     0    48     1    15
  9.5395862891715737E+00 a       768     0    48     1    16
  3.2105423707980085E+00 a       769     0    49     1     1
 -1.4520583114460676E+01 a       770     0    49     1     2
 -6.1162950874392665E+00 a       771     0    49     1     3
 -7.2457089020505450E-01 a       772     0    49     1     4
 -8.7704024064411357E+00 a       773     0    49     1     5
  7.9273747427682553E+00 a       774     0    49     1     6
  1.8345155212538668E+01 a       775     0    49     1     7
  1.1939891866699965E+00 a       776     0    49     1     8
  1.0141784333493380E+01 a       777     0    49     1     9
  4.7526572587875648E+00 a       778     0    49     1    10
 -7.2002128882114746E+00 a       779     0    49     1    11
 -1.2123874542165277E+01 a       780     0    49     1    12
 -1.4496214398315994E+01 a       781     0    49     1    13
 -8.8812439036106845E+00 a       782     0    49     1    14
  1.0796584305816292E+01 a       783     0    49     1    15
 -1.9132078134315300E+01 a       784     0    49     1    16
  1.0235014520932009E+00 a       785     0    50     1     1
  4.7650473971863661E-01 a       786     0    50     1     2
  1.0654444798199304E-01 a       787     0    50     1     3
  2.1142071413161470E-01 a       788     0    50     1     4
  5.8144588202982117E-01 a       789     0    50     1     5
  2.4201688839429575E-01 a       790     0    50     1     6
 -1.1837068273170732E+00 a       791     0    50     1     7
 -1.3296636568404114E+00 a       792     0    50     1     8
  1.8399192044011042E-01 a       793     0    50     1     9
  4.8345660222197595E-01 a       794     0    50     1    10
  2.4634258828939959E-01 a       795     0    50     1    11
 -2.0923092008602474E-02 a       796     0    50     1    12
  4.0367469902138370E-01 a       797     0    50     1    13
 -1.3014448043864666E+00 a       798     0    50     1    14
  1.1914097365351761E-01 a       799     0    50     1    15
 -1.6865025440062534E-01 a       800     0    50     1    16
 -1.2562131998960635E+00 a       801     0    51     1     1
 -1.0786698014836062E+00 a       802     0    51     1     2
 -4.0505093819660942E-01 a       803     0    51     1     3
 -1.0699871788311162E-01 a       804     0    51     1     4
  9.7535784187344865E-01 a       805     0    51     1     5
 -9.5309949206017763E-02 a       806     0    51     1     6
 -3.6945169968433833E-01 a       807     0    51     1     7
 -8.7144561182274138E-01 a       808     0    51     1     8
  3.6102138069045597E-01 a       809     0    51     1     9
 -5.0106340434904328E-01 a       810     0    51     1    10
  2.1483506604590739E+00 a       811     0    51     1    11
 -4.3038532254597689E-01 a       812     0    51     1    12
  2.8841521367870454E-01 a       813     0    51     1    13
  1.4570844993119796E+00 a       814     0    51     1    14
 -4.5253770339412441E-01 a       815     0    51     1    15
 -1.1586742151822909E+00 a       816     0    51     1    16
  4.0956473115357905E+00 a       817     0    52     1     1
 -9.4384791974270510E-01 a       818     0    52     1     2
  8.8221168795205129E-01 a       819     0    52     1     3
  2.1215237765224819E-02 a       820     0    52     1     4
 -2.6146490908363500E+00 a       821     0    52     1     5
  9.1366399433233603E-01 a       822     0    52     1     6
  1.4050367907442018E+00 a       823     0    52     1     7
 -1.6004683179524000E+00 a       824     0    52     1     8
  1.6150625292788223E+00 a       825     0    52     1     9
  1.3941395482504111E+00 a       826     0    52     1    10
  3.1157264695038775E+00 a       827     0    52     1    11
 -2.4951380336681845E+00 a       828     0    52     1    12
 -4.6385794678574788E-01 a       829     0    52     1    13
 -4.8046005455404828E-01 a       830     0    52     1    14
  2.0270740556202855E+00 a       831     0    52     1    15
 -4.0499634759999470E+00 a       832     0    52     1    16
 -1.0927488395927754E+00 a       833     0    53     1     1
 -3.5475690175244470E+00 a       834     0    53     1     2
 -3.4836277976856591E+00 a       835     0    53     1     3
 -1.1378761721271600E+00 a       836     0    53     1     4
  1.8936489523116221E-01 a       837     0    53     1     5
  2.7867652679247570E+00 a       838     0    53     1     6
  1.8403621402244239E+00 a       839     0    53     1     7
  9.9460187621859522E+00 a       840     0    53     1     8
 -5.8491778858612227E+00 a       841     0    53     1     9
 -1.8532150055916374E+00 a       842     0    53     1    10
 -5.8671003611297712E+00 a       843     0    53     1    11
  1.5250014740449942E+00 a       844     0    53     1    12
 -2.5968279836530042E+00 a       845     0    53     1    13
  2.7112348991723465E+00 a       846     0    53     1    14
 -2.2561163906018060E+00 a       847     0    53     1    15
  7.6895292718351520E+00 a       848     0    53     1    16
 -5.9328317150233967E-01 a       849     0    54     1     1
 -4.6890468856050616E-01 a       850     0    54     1     2
 -2.5610878677138924E+00 a       851     0    54     1     3
 -4.0561916725723368E-01 a       852     0    54     1     4
  2.7481161206318134E+00 a       853     0    54     1     5
  2.7943021133809247E+00 a       854     0    54     1     6
  1.1844069944165061E+00 a       855     0    54     1     7
  3.7578907565775181E+00 a       856     0    54     1     8
 -2.0058492551572957E+00 a       857     0    54     1     9
 -2.4075798510720392E+00 a       858     0    54     1    10
 -7.3246627128722048E+00 a       859     0    54     1    11
  2.3124148835646766E-01 a       860     0    54     1    12
 -4.0924509620198428E+00 a       861     0    54     1    13
 -3.4745483370707286E+00 a       862     0    54     1    14
  1.1222109044936004E+00 a       863     0    54     1    15
  1.8925801955867236E+00 a       864     0    54     1    16
  1.9146201830999512E+00 a       865     0    55     1     1
  1.2739899344361090E+00 a       866     0    55     1     2
 -1.5900365288788068E-01 a       867     0    55     1     3
  8.6367467309787727E-01 a       868     0    55     1     4
 -1.0801360006954672E+00 a       869     0    55     1     5
  1.7412925772282655E+00 a       870     0    55     1     6
  6.9467627816931721E-01 a       871     0    55     1     7
  3.4394447545222531E+00 a       872     0    55     1     8
 -4.2300419609843987E-01 a       873     0    55     1     9
  2.0596712786093803E+00 a       874     0    55     1    10
 -4.7325100745304196E+00 a       875     0    55     1    11
  1.4118615027339623E+00 a       876     0    55     1    12
 -4.8542040050584880E+00 a       877     0    55     1    13
 -5.3460054889801851E+00 a       878     0    55     1    14
  2.0571271997747709E-01 a       879     0    55     1    15
  4.3712963826056255E+00 a       880     0    55     1    16
 -1.1786830091916602E+00 a       881     0    56     1     1
  6.7701022782613292E+00 a       882     0    56     1     2
  3.7159967829622889E+00 a       883     0    56     1     3
  5.0437541103438965E-01 a       884     0    56     1     4
  1.5110021485438900E+00 a       885     0    56     1     5
  4.9475380843040080E+00 a       886     0    56     1     6
 -4.5057766179434700E-01 a       887     0    56     1     7
  9.0431850574545827E+00 a       888     0    56     1     8
  1.0868848223100169E+00 a       889     0    56     1     9
 -1.8991321397744041E+00 a       890     0    56     1    10
 -7.5202176178654314E+00 a       891     0    56     1    11
 -1.9108848775886855E+00 a       892     0    56     1    12
  3.0902235034823016E+00 a       893     0    56     1    13
 -7.2549883630271612E+00 a       894     0    56     1    14
  1.4276849666851961E+00 a       895     0    56     1    15
  2.7199128714814060E+00 a       896     0    56     1    16
 -7.0372733984124392E-01 a       897     0    57     1     1
  5.4865515571753090E+00 a       898     0    57     1     2
  4.5003366051358640E+00 a       899     0    57     1     3
  5.8379340858985689E+00 a       900     0    57     1     4
  2.6911172452913523E+00 a       901     0    57     1     5
  1.5089433054036119E+00 a       902     0    57     1     6
 -7.9557489284443961E-01 a       903     0    57     1     7
 -3.4946465774975044E+00 a       904     0    57     1     8
  4.1267649129599562E+00 a       905     0    57     1     9
  7.7013299550564496E-01 a       906     0    57     1    10
  4.3564652430185786E+00 a       907     0    57     1    11
 -2.7346101225351411E+00 a       908     0    57     1    12
  2.6930848478223117E+00 a       909     0    57     1    13
 -2.4352132859969897E+00 a       910     0    57     1    14
  2.0635651050509676E+00 a       911     0    57     1    15
 -3.2090959509548016E+00 a       912     0    57     1    16
 -5.0746457602073269E-01 a       913     0    58     1     1
  9.9125407828308276E+00 a       914     0    58     1     2
  6.1730375312407837E+00 a       915     0    58     1     3
  3.9837298081536230E+00 a       916     0    58     1     4
  1.1104719731004936E+01 a       917     0    58     1     5
 -7.8223381955579940E-01 a       918     0    58     1     6
 -1.4230147302924340E+01 a       919     0    58     1     7
 -5.0189386577252524E+00 a       920     0    58     1     8
  7.3620471538013443E-01 a       921     0    58     1     9
 -4.9397755085412109E+00 a       922     0    58     1    10
  4.1619527404796761E+00 a       923     0    58     1    11
  6.9685836081928283E+00 a       924     0    58     1    12
  1.3797223383346648E+01 a       925     0    58     1    13
  3.9941988508555615E+00 a       926     0    58     1    14
 -4.0634396848464709E+00 a       927     0    58     1    15
  9.8242576815833829E+00 a       928     0    58     1    16
  1.7288879633958210E+01 a       929     0    59     1     1
  1.4302763528457477E-01 a       930     0    59     1     2
  4.3062646703769974E-01 a       931     0    59     1     3
 -3.8967256087035946E+00 a       932     0    59     1     4
  6.5428964318010268E+00 a       933     0    59     1     5
  1.9269143415098215E+00 a       934     0    59     1     6
 -8.5543081396567828E+00 a       935     0    59     1     7
  4.9808218348423434E+00 a       936     0    59     1     8
  3.3674657695326259E-02 a       937     0    59     1     9
  3.0565253542839912E+00 a       938     0    59     1    10
 -1.3277709272511606E+01 a       939     0    59     1    11
 -6.8374820256635047E+00 a       940     0    59     1    12
  5.7167056394501889E+00 a       941     0    59     1    13
 -1.6737588961120171E+00 a       942     0    59     1    14
  2.3781802702933792E+00 a       943     0    59     1    15
  1.0140927037458322E+01 a       944     0    59     1    16
  2.7425220101192864E+00 a       945     0    60     1     1
  3.2321906770200699E+00 a       946     0    60     1     2
  1.8833886763303925E-01 a       947     0    60     1     3
  2.5214610355684219E-01 a       948     0    60     1     4
  8.0015634726534757E-01 a       949     0    60     1     5
  1.3001169268883723E+00 a       950     0    60     1     6
 -3.9833273849805533E+00 a       951     0    60     1     7
 -1.0992151781713405E+01 a       952     0    60     1     8
  1.5378446292779024E+00 a       953     0    60     1     9
  8.7475013899657938E-01 a       954     0    60     1    10
  4.2806575518249845E+00 a       955     0    60     1    11
 -6.4684554801576011E-01 a       956     0    60     1    12
 -4.1401007665710804E-01 a       957     0    60     1    13
 -9.4124194084210644E-01 a       958     0    60     1    14
  2.1284301707723854E+00 a       959     0    60     1    15
 -4.4481035061064036E+00 a       960     0    60     1    16
  3.7007531911856573E+00 a       961     0    61     1     1
 -1.2499547818022438E+00 a       962     0    61     1     2
 -1.0548734986061099E+00 a       963     0    61     1     3
  2.6731401187358106E+00 a       964     0    61     1     4
 -2.0327135360865339E-01 a       965     0    61     1     5
  1.6213351536077802E+00 a       966     0    61     1     6
  1.1846661175724742E-01 a       967     0    61     1     7
 -6.7037139744185144E+00 a       968     0    61     1     8
 -5.5007417088808996E-01 a       969     0    61     1     9
  1.9872434700986763E+00 a       970     0    61     1    10
  1.6788415982372089E+00 a       971     0    61     1    11
  4.7739022289408579E-02 a       972     0    61     1    12
 -4.3965042964649665E+00 a       973     0    61     1    13
 -7.8781856156544905E-01 a       974     0    61     1    14
  1.5252741547264896E+00 a       975     0    61     1    15
  1.5188068587697898E+00 a       976     0    61     1    16
  7.9205548837490880E-01 a       977     0    62     1     1
 -1.7856758316393655E+00 a       978     0    62     1     2
 -1.8888004280039494E+00 a       979     0    62     1     3
 -3.6740901511383756E-01 a       980     0    62     1     4
 -1.2876497800615105E+00 a       981     0    62     1     5
 -1.2773644309207923E+00 a       982     0    62     1     6
  2.1266568526712035E+00 a       983     0    62     1     7
  1.2762962496598071E+01 a       984     0    62     1     8
 -8.6506411408796502E-01 a       985     0    62     1     9
 -4.1320682869975434E-01 a       986     0    62     1    10
  3.0855629123053960E+00 a       987     0    62     1    11
 -4.7780200632914460E-01 a       988     0    62     1    12
  1.6244228876965423E+00 a       989     0    62     1    13
  1.5220428711567282E+00 a       990     0    62     1    14
 -8.1065075360990579E-01 a       991     0    62     1    15
  5.5675153701907976E-01 a       992     0    62     1    16
 -8.0114596566731555E-01 a       993     0    63     1     1
  1.9624858605275117E+00 a       994     0    63     1     2
  1.0484022031088329E+00 a       995     0    63     1     3
  3.1205193516412266E-01 a       996     0    63     1     4
  1.4520176807965248E+00 a       997     0    63     1     5
  3.3113977326516921E+00 a       998     0    63     1     6
 -1.9143497160341472E+00 a       999     0    63     1     7
 -1.7498785299303534E+00 a      1000     0    63     1     8
  3.5234759767888164E+00 a      1001     0    63     1     9
  4.0032553846243296E-01 a      1002     0    63     1    10
  1.9678749781268556E+00 a      1003     0    63     1    11
 -6.5315214555840184E-01 a      1004     0    63     1    12
 -1.4511423663361043E+00 a      1005     0    63     1    13
 -2.5637922166860583E-01 a      1006     0    63     1    14
  1.9593454929850289E+00 a      1007     0    63     1    15
 -1.4217403335174204E+00 a      1008     0    63     1    16
  2.8661894000961601E+00 a      1009     0    64     1     1
  1.1478947653167917E+00 a      1010     0    64     1     2
 -2.2618939580238612E-02 a      1011     0    64     1     3
 -7.3446760681588694E+00 a      1012     0    64     1     4
 -1.0900600927556981E+01 a      1013     0    64     1     5
 -2.6935998884576917E+00 a      1014     0    64     1     6
  9.8050861827422042E-01 a      1015     0    64     1     7
  5.1965031429688340E+00 a      1016     0    64     1     8
 -8.3350280003295101E+00 a      1017     0    64     1     9
  5.6538671240719731E+00 a      1018     0    64     1    10
  4.5804784023006935E+00 a      1019     0    64     1    11
  7.1893937666739038E-01 a      1020     0    64     1    12
 -2.8824941431492714E+00 a      1021     0    64     1    13
  2.9787354447045034E+00 a      1022     0    64     1    14
 -2.7249562062579415E+00 a      1023     0    64     1    15
  3.6851097964190318E+00 a      1024     0    64     1    16
  1.5620382895409632E-01 b      1025     1     1
  3.0215948544967003E-01 b      1026     1     2
  3.2728316916426990E-02 b      1027     1     3
  2.5314459764495828E-01 b      1028     1     4
  2.5994281283971764E-02 b      1029     1     5
  1.2895917512168895E-01 b      1030     1     6
  1.7035488145894020E-02 b      1031     1     7
  8.6341922825501037E-03 b      1032     1     8
  2.4855140346212548E-01 b      1033     1     9
 -2.3230421455550546E-01 b      1034     1    10
 -1.1509130412458692E-02 b      1035     1    11
 -5.2394771851049689E-02 b      1036     1    12
  2.2527738258397520E-01 b      1037     1    13
  2.6157315369791212E-01 b      1038     1    14
  1.0533930004076390E-01 b      1039     1    15
  2.2629373780773382E-01 b      1040     1    16
 -9.1675276123445437E-01 a      1041     1     1     2     1
 -5.6347477484051522E-01 a      1042     1     1     2     2
 -6.1940059980362405E-01 a      1043     1     1     2     3
 -5.4402356957258624E-01 a      1044     1     1     2     4
  7.3479469098837014E-01 a      1045     1     1     2     5
 -7.6990693528149234E-01 a      1046     1     1     2     6
  2.8826659825423504E+00 a      1047     1     1     2     7
  4.5055687215495949E-01 a      1048     1     1     2     8
 -7.6193237719703655E-01 a      1049     1     1     2     9
 -2.7844490922881371E-01 a      1050     1     1     2    10
 -6.5779686468718934E-01 a      1051     1     1     2    11
  2.0642038230181245E-01 a      1052     1     1     2    12
 -4.0947618497071653E-01 a      1053     1     1     2    13
  2.8570368774346233E-01 a      1054     1     1     2    14
  2.4463583235522818E-01 a      1055     1     1     2    15
  2.3998090213362278E-01 a      1056     1     1     2    16
 -8.2566803224745744E-02 a      1057     1     2     2     1
 -1.1563111207537535E+00 a      1058     1     2     2     2
 -1.1716336064226812E-01 a      1059     1     2     2     3
  1.5158286586805449E+00 a      1060     1     2     2     4
  3.1439802344289031E-01 a      1061     1     2     2     5
  3.2681118774445023E-01 a      1062     1     2     2     6
  4.5567326740870058E-02 a      1063     1     2     2     7
  8.9064375474112922E-01 a      1064     1     2     2     8
 -1.5560135896020499E-01 a      1065     1     2     2     9
  2.3656755087291784E-03 a      1066     1     2     2    10
  7.2629593523774905E-01 a      1067     1     2     2    11
  2.1288481664086905E+00 a      1068     1     2     2    12
  3.1028342995306002E-01 a      1069     1     2     2    13
 -5.2966517353085441E-01 a      1070     1     2     2    14
 -3.0947046256351479E-01 a      1071     1     2     2    15
 -2.8565182108834059E-01 a      1072     1     2     2    16
  6.0810059072600831E-01 a      1073     1     3     2     1
  1.2208178810547161E+00 a      1074     1     3     2     2
  2.3907362884344210E-01 a      1075     1     3     2     3
 -1.6553643135396316E+00 a      1076     1     3     2     4
  8.7585093502734856E-01 a      1077     1     3     2     5
  1.4778914948408015E-01 a      1078     1     3     2     6
  1.2130864802760990E+00 a      1079     1     3     2     7
 -1.1348669721893978E+00 a      1080     1     3     2     8
  8.3450273082746851E-01 a      1081     1     3     2     9
 -2.5913460781412351E-01 a      1082     1     3     2    10
 -6.0333994386486456E-01 a      1083     1     3     2    11
 -7.7130689537042174E-01 a      1084     1     3     2    12
 -6.5194122795992862E-02 a      1085     1     3     2    13
 -5.8217101516440861E-01 a      1086     1     3     2    14
  5.0624951473904767E-01 a      1087     1     3     2    15
  5.7376946788742811E-01 a      1088     1     3     2    16
 -1.0686852372634215E+00 a      1089     1     4     2     1
 -8.0876575965745168E-01 a      1090     1     4     2     2
 -9.4771435884898295E-02 a      1091     1     4     2     3
  4.6645135747527205E-01 a      1092     1     4     2     4
  7.0106434311792276E-01 a      1093     1     4     2     5
  1.6649731449539973E-01 a      1094     1     4     2     6
 -8.6507714609803354E-01 a      1095     1     4     2     7
  5.2979881067689227E-01 a      1096     1     4     2     8
  9.2476029136298055E-01 a      1097     1     4     2     9
 -3.1231282031866810E-02 a      1098     1     4     2    10
 -9.6731969787713168E-01 a      1099     1     4     2    11
  6.7127333511375908E-01 a      1100     1     4     2    12
 -6.8488070476086105E-01 a      1101     1     4     2    13
 -3.3259531677574761E-01 a      1102     1     4     2    14
  2.5742162595177021E-02 a      1103     1     4     2    15
 -3.0753210915999202E-01 a      1104     1     4     2    16
 -1.4594009186333018E-01 a      1105     1     5     2     1
 -9.2001532819674559E-01 a      1106     1     5     2     2
 -2.2744842667411749E-01 a      1107     1     5     2     3
 -1.5298245616230683E+00 a      1108     1     5     2     4
  7.8795421527013043E-01 a      1109     1     5     2     5
  6.9491778214481525E-01 a      1110     1     5     2     6
  3.4441459840218300E+00 a      1111     1     5     2     7
  2.3071360164958876E+00 a      1112     1     5     2     8
  1.0266631320505524E+00 a      1113     1     5     2     9
 -1.8937980109230915E-01 a      1114     1     5     2    10
 -8.4769237330382807E-01 a      1115     1     5     2    11
 -4.1700448688094652E-02 a      1116     1     5     2    12
  7.2078200759844377E-02 a      1117     1     5     2    13
  2.8528454671002190E-01 a      1118     1     5     2    14
 -5.1891526553603784E-01 a      1119     1     5     2    15
 -4.8889498352447680E-01 a      1120     1     5     2    16
  6.4568059408110545E-01 a      1121     1     6     2     1
  1.0029833461638620E+00 a      1122     1     6     2     2
 -8.0508991905292560E-01 a      1123     1     6     2     3
 -4.6773476872248143E-01 a      1124     1     6     2     4
 -1.1076539302717039E+00 a      1125     1     6     2     5
 -3.8278102299839872E-01 a      1126     1     6     2     6
 -4.1955117554522930E-01 a      1127     1     6     2     7
 -6.2520301595067540E-01 a      1128     1     6     2     8
 -1.5066920360044727E+00 a      1129     1     6     2     9
 -5.6721756961225589E-01 a      1130     1     6     2    10
  7.7193925612980663E-02 a      1131     1     6     2    11
  1.8037825483826847E-01 a      1132     1     6     2    12
  4.4904999847108984E-01 a      1133     1     6     2    13
  5.7094938337669758E-02 a      1134     1     6     2    14
 -8.0090980344852314E-01 a      1135     1     6     2    15
  5.4419566914468087E-01 a      1136     1     6     2    16
 -1.9102673497144743E-01 a      1137     1     7     2     1
 -2.1667272086920852E-01 a      1138     1     7     2     2
 -3.8996613552540194E-01 a      1139     1     7     2     3
 -2.0189094938353146E-02 a      1140     1     7     2     4
  6.6755976687959129E-01 a      1141     1     7     2     5
 -6.3083792770619196E-01 a      1142     1     7     2     6
  2.3996725827420451E+00 a      1143     1     7     2     7
  3.7206195105390699E-01 a      1144     1     7     2     8
 -1.1202929585216592E+00 a      1145     1     7     2     9
  1.7802591577686733E-01 a      1146     1     7     2    10
  4.7773869677282166E-01 a      1147     1     7     2    11
 -1.3522478200941782E-01 a      1148     1     7     2    12
 -1.1959400229956526E-02 a      1149     1     7     2    13
  4.0732777693779504E-02 a      1150     1     7     2    14
  9.2955580175731911E-01 a      1151     1     7     2    15
  3.2777213699085284E-01 a      1152     1     7     2    16
  7.4349413885477902E-02 a      1153     1     8     2     1
 -6.0875710867045168E-03 a      1154     1     8     2     2
  2.1750829686617477E-02 a      1155     1     8     2     3
 -3.7563922472661049E-01 a      1156     1     8     2     4
  7.9980417599523609E-02 a      1157     1     8     2     5
  2.0919346102366254E-01 a      1158     1     8     2     6
  5.1444589866670376E-01 a      1159     1     8     2     7
 -5.8146057454788826E-02 a      1160     1     8     2     8
  3.6186893953661492E-01 a      1161     1     8     2     9
  3.8226043631659173E-01 a      1162     1     8     2    10
 -2.6428450336340470E-01 a      1163     1     8     2    11
  1.6401052848357789E-01 a      1164     1     8     2    12
  1.4800736900726960E-01 a      1165     1     8     2    13
 -5.4068080678318442E-01 a      1166     1     8     2    14
 -2.9427504634414320E-01 a      1167     1     8     2    15
 -1.0726225866015124E-01 a      1168     1     8     2    16
 -7.3404107729243118E-01 a      1169     1     9     2     1
 -1.3519825145214925E-01 a      1170     1     9     2     2
 -5.3621035448962195E-01 a      1171     1     9     2     3
  3.9076824442552133E-01 a      1172     1     9     2     4
  3.7682101155087949E-01 a      1173     1     9     2     5
 -1.0292745042931795E+00 a      1174     1     9     2     6
 -1.0489498996044073E+00 a      1175     1     9     2     7
 -2.0745693871029212E+00 a      1176     1     9     2     8
 -1.1983153278213343E+00 a      1177     1     9     2     9
 -6.0309600620309767E-01 a      1178     1     9     2    10
  4.2450593527079743E-02 a      1179     1     9     2    11
 -2.1274281109124416E-01 a      1180     1     9     2    12
 -3.8787830751102076E-01 a      1181     1     9     2    13
  1.1375306664751259E+00 a      1182     1     9     2    14
  1.0767790682604925E+00 a      1183     1     9     2    15
  5.2596052434490420E-02 a      1184     1     9     2    16
  1.0295114579259443E+00 a      1185     1    10     2     1
  4.9169481760569522E-01 a      1186     1    10     2     2
 -1.6827306702417064E-01 a      1187     1    10     2     3
 -1.6140949296457705E+00 a      1188     1    10     2     4
 -1.0386955718323212E+00 a      1189     1    10     2     5
 -1.7533058198586748E-01 a      1190     1    10     2     6
  6.9063841060705089E-01 a      1191     1    10     2     7
 -1.9844526520995067E+00 a      1192     1    10     2     8
 -5.0526547267073851E-01 a      1193     1    10     2     9
 -5.7504516273361550E-01 a      1194     1    10     2    10
  1.1613064581490866E+00 a      1195     1    10     2    11
 -2.3629767894402495E-01 a      1196     1    10     2    12
 -5.0629828551460455E-02 a      1197     1    10     2    13
  9.7107365258560496E-01 a      1198     1    10     2    14
 -3.0710835532574970E-01 a      1199     1    10     2    15
  1.0369762385559722E+00 a      1200     1    10     2    16
  7.5016638657739565E-01 a      1201     1    11     2     1
  5.9208364797940904E-01 a      1202     1    11     2     2
 -3.6055215406544983E-01 a      1203     1    11     2     3
  1.4460325482524025E-01 a      1204     1    11     2     4
  4.3307534803254549E-01 a      1205     1    11     2     5
  3.6597228893940992E-01 a      1206     1    11     2     6
  1.3742488421674566E+00 a      1207     1    11     2     7
 -1.0522833759311239E+00 a      1208     1    11     2     8
 -4.3615769596155617E-02 a      1209     1    11     2     9
  6.1070126944096637E-01 a      1210     1    11     2    10
  2.0725806117996870E-01 a      1211     1    11     2    11
 -1.0579118637842448E-01 a      1212     1    11     2    12
  5.2633417595569154E-01 a      1213     1    11     2    13
 -1.6956303278817855E-01 a      1214     1    11     2    14
  6.8992389213369310E-01 a      1215     1    11     2    15
  7.0446972898099913E-01 a      1216     1    11     2    16
  1.4887166233971447E+00 a      1217     1    12     2     1
  1.1166736906844901E+00 a      1218     1    12     2     2
 -8.8797743348824487E-01 a      1219     1    12     2     3
  7.1248669716671723E-02 a      1220     1    12     2     4
  4.8566465636677192E-01 a      1221     1    12     2     5
 -3.3975389793105000E-02 a      1222     1    12     2     6
 -2.1757887639057900E+00 a      1223     1    12     2     7
 -1.6636441542647089E+00 a      1224     1    12     2     8
  3.2123233651784966E-01 a      1225     1    12     2     9
 -5.4190973846323665E-01 a      1226     1    12     2    10
  7.1783484995560443E-01 a      1227     1    12     2    11
  5.1027732151429706E-01 a      1228     1    12     2    12
  1.0819268683771288E+00 a      1229     1    12     2    13
 -1.0497098590627454E+00 a      1230     1    12     2    14
  6.2462961774973069E-01 a      1231     1    12     2    15
  6.1844124171537895E-01 a      1232     1    12     2    16
 -1.2438502263751873E-01 a      1233     1    13     2     1
  2.3908198766932517E-01 a      1234     1    13     2     2
  5.1374167364505741E-01 a      1235     1    13     2     3
  2.6358653734325121E-01 a      1236     1    13     2     4
 -4.8747044547493767E-01 a      1237     1    13     2     5
 -1.0913358622281411E-01 a      1238     1    13     2     6
  4.4022976043094808E-01 a      1239     1    13     2     7
  1.2731563146614450E-01 a      1240     1    13     2     8
 -1.6498295076223152E-01 a      1241     1    13     2     9
  1.5911863534057294E-01 a      1242     1    13     2    10
  7.9041622878786266E-01 a      1243     1    13     2    11
 -9.1594869380845922E-01 a      1244     1    13     2    12
 -3.2873228566731849E-01 a      1245     1    13     2    13
 -1.3583978258382732E+00 a      1246     1    13     2    14
 -3.7374984581637710E-01 a      1247     1    13     2    15
 -6.5764159529389410E-01 a      1248     1    13     2    16
  3.6580917827274934E-01 a      1249     1    14     2     1
  4.2116278415934849E-02 a      1250     1    14     2     2
 -8.3241902073276530E-02 a      1251     1    14     2     3
 -4.3078046437561968E-01 a      1252     1    14     2     4
  4.6613328893449685E-01 a      1253     1    14     2     5
 -5.4278940049606550E-01 a      1254     1    14     2     6
  1.4166079819746480E-01 a      1255     1    14     2     7
 -8.8013504699939615E-01 a      1256     1    14     2     8
 -5.9882931215523394E-01 a      1257     1    14     2     9
 -6.3052426203950707E-01 a      1258     1    14     2    10
  9.4565693568342568E-01 a      1259     1    14     2    11
  8.5035009865386180E-01 a      1260     1    14     2    12
  5.1797007040736887E-01 a      1261     1    14     2    13
  6.9454784753529373E-03 a      1262     1    14     2    14
  5.8199762996896420E-01 a      1263     1    14     2    15
  1.3102884368147596E-01 a      1264     1    14     2    16
  3.2914827815217035E-01 a      1265     1    15     2     1
 -9.3724413052881525E-02 a      1266     1    15     2     2
  7.9591038619999599E-01 a      1267     1    15     2     3
  2.4094658386689430E-01 a      1268     1    15     2     4
  4.6083999598261249E-01 a      1269     1    15     2     5
 -1.0282299838941057E-01 a      1270     1    15     2     6
 -1.2864640928351865E+00 a      1271     1    15     2     7
 -1.9494299342207826E+00 a      1272     1    15     2     8
  1.1046245903985323E+00 a      1273     1    15     2     9
  7.4520842423321076E-01 a      1274     1    15     2    10
  7.2250101069599493E-01 a      1275     1    15     2    11
 -3.1394124806195528E-01 a      1276     1    15     2    12
  1.4331329977685903E-01 a      1277     1    15     2    13
 -5.8007446830458553E-01 a      1278     1    15     2    14
  1.0326520270489705E+00 a      1279     1    15     2    15
 -2.1241852995114069E-01 a      1280     1    15     2    16
  2.2700744685263525E-02 a      1281     1    16     2     1
  2.9321701345705958E-01 a      1282     1    16     2     2
  1.4030595364712850E-01 a      1283     1    16     2     3
  4.9559522533384942E-01 a      1284     1    16     2     4
  4.2052908400082578E-01 a      1285     1    16     2     5
  1.8831312829667585E-01 a      1286     1    16     2     6
  2.6984932806284245E-01 a      1287     1    16     2     7
 -2.1863315325219057E+00 a      1288     1    16     2     8
  4.9450573773371323E-02 a      1289     1    16     2     9
  5.3575935999632363E-01 a      1290     1    16     2    10
  1.9164049749772115E-02 a      1291     1    16     2    11
 -5.1458894908095887E-01 a      1292     1    16     2    12
 -1.3804550252045580E-01 a      1293     1    16     2    13
 -5.4003020580818917E-01 a      1294     1    16     2    14
  6.6300705988543318E-01 a      1295     1    16     2    15
 -2.9312387427599046E-01 a      1296     1    16     2    16
 -8.4120699901111751E-01 b      1297     2     1
 -1.6423855198585855E+00 b      1298     2     2
  4.2599249520467164E-01 b      1299     2     3
  1.2817166944688403E+00 b      1300     2     4
 -1.2171291666118966E+00 b      1301     2     5
  3.5318661932393169E-01 b      1302     2     6
 -1.8961903168225036E+00 b      1303     2     7
  1.7557214344416336E+00 b      1304     2     8
  1.3620011152102457E-01 b      1305     2     9
  8.8825308401762859E-01 b      1306     2    10
 -6.3743482996881795E-01 b      1307     2    11
 -8.4196914005336229E-02 b      1308     2    12
 -1.2384788433073293E+00 b      1309     2    13
 -5.3748614140128359E-01 b      1310     2    14
 -1.4957520178047876E+00 b      1311     2    15
 -8.6384262639062226E-01 b      1312     2    16
  7.4975156709937585E-01 a      1313     2     1     3     1
 -3.6043866773702071E-01 a      1314     2     2     3     1
  4.5234355689975414E-01 a      1315     2     3     3     1
 -4.7308381437987289E-02 a      1316     2     4     3     1
 -3.4487756244132933E-01 a      1317     2     5     3     1
 -7.5879114453482954E-01 a      1318     2     6     3     1
  8.9825572065362222E-02 a      1319     2     7     3     1
 -7.6320472884077040E-01 a      1320     2     8     3     1
  5.6455409963028458E-01 a      1321     2     9     3     1
 -4.7684547008272155E-02 a      1322     2    10     3     1
 -2.2672097376087566E-01 a      1323     2    11     3     1
  1.8896888774787571E-01 a      1324     2    12     3     1
 -6.6317818427930963E-01 a      1325     2    13     3     1
  2.2530645584618483E-01 a      1326     2    14     3     1
  3.6375343153470646E-01 a      1327     2    15     3     1
 -3.9737155801651014E-01 a      1328     2    16     3     1
 -8.3952758507950420E-02 b      1329     3     1
