################################################################################
# Neural network connection values (weights and biases).
################################################################################
# Col  Name       Description
################################################################################
# 1    connection Neural network connection value.
# 2    t          Connection type (a = weight, b = bias).
# 3    index      Index enumerating weights.
# 4    l_s        Starting point layer (end point layer for biases).
# 5    n_s        Starting point neuron in starting layer (end point neuron for biases).
# 6    l_e        End point layer.
# 7    n_e        End point neuron in end layer.
################################################################################
#                      1 2         3     4     5     6     7
#             connection t     index   l_s   n_s   l_e   n_e
############################################################
  1.3488567749325071E+00 a         1     0     1     1     1
  2.2147639361012237E+00 a         2     0     1     1     2
  6.9991093575113208E+00 a         3     0     1     1     3
  2.7810588194878133E-01 a         4     0     1     1     4
 -5.0152227515008574E-01 a         5     0     1     1     5
 -7.8515307380445576E-01 a         6     0     1     1     6
 -2.3533685309762369E+00 a         7     0     1     1     7
  2.6734201443510206E+00 a         8     0     1     1     8
 -3.1156182515841718E-01 a         9     0     1     1     9
  2.0330884910227880E+00 a        10     0     1     1    10
 -2.7414271176718765E+00 a        11     0     1     1    11
 -1.6900551558037911E+00 a        12     0     1     1    12
 -2.6038850539214997E-01 a        13     0     1     1    13
  6.7772642348242013E-02 a        14     0     1     1    14
  3.1313412660719266E+00 a        15     0     1     1    15
 -1.7403217760850866E+00 a        16     0     1     1    16
 -4.5480247972868675E+00 a        17     0     2     1     1
 -2.0453728354204861E+00 a        18     0     2     1     2
  1.6692790782683506E+00 a        19     0     2     1     3
 -1.0936439673798333E+01 a        20     0     2     1     4
 -8.8567821517028360E+00 a        21     0     2     1     5
  4.7105647326361139E-01 a        22     0     2     1     6
  6.6485606102855170E+00 a        23     0     2     1     7
 -6.3486671479280234E+00 a        24     0     2     1     8
 -6.8475235489457020E+00 a        25     0     2     1     9
  5.5435256362772023E+00 a        26     0     2     1    10
 -8.6000253856583253E+00 a        27     0     2     1    11
  4.3429720310451261E+00 a        28     0     2     1    12
  1.1292746218333223E+01 a        29     0     2     1    13
 -1.8805066924440887E+00 a        30     0     2     1    14
 -9.7115192644767188E+00 a        31     0     2     1    15
  1.3017087285576464E+01 a        32     0     2     1    16
 -2.4420138984640491E+01 a        33     0     3     1     1
  2.0581284415493943E+01 a        34     0     3     1     2
  4.8903600884527050E+00 a        35     0     3     1     3
 -4.7467402434347736E+00 a        36     0     3     1     4
 -7.2728512499147797E+00 a        37     0     3     1     5
 -9.1535510442046082E+00 a        38     0     3     1     6
 -5.2166792127441592E+00 a        39     0     3     1     7
 -2.1737559531571979E-01 a        40     0     3     1     8
 -1.4898468366562557E+01 a        41     0     3     1     9
  3.8450277534596089E+00 a        42     0     3     1    10
 -1.9827653415685200E+00 a        43     0     3     1    11
 -1.9769460497987552E+01 a        44     0     3     1    12
  1.6676208579882285E+01 a        45     0     3     1    13
 -1.4167781398598308E+01 a        46     0     3     1    14
 -1.2240031779625669E+01 a        47     0     3     1    15
  1.0126053872422721E+01 a        48     0     3     1    16
  5.3686419269058936E+00 a        49     0     4     1     1
  3.3027184400375673E+00 a        50     0     4     1     2
  1.3010218677896497E+00 a        51     0     4     1     3
  1.1751890620069352E+01 a        52     0     4     1     4
  1.0691053809834445E+01 a        53     0     4     1     5
  1.5113158237248783E+00 a        54     0     4     1     6
 -5.7228029347433580E+00 a        55     0     4     1     7
  5.8950688050470310E+00 a        56     0     4     1     8
  4.3322218485622033E+00 a        57     0     4     1     9
  3.3054633572891130E-02 a        58     0     4     1    10
  9.2910677308541867E-01 a        59     0     4     1    11
 -4.8882848820215337E+00 a        60     0     4     1    12
 -1.2484944285738534E+01 a        61     0     4     1    13
  9.0629495308005048E-01 a        62     0     4     1    14
  1.1504565111166194E+01 a        63     0     4     1    15
 -1.0339486499259039E+01 a        64     0     4     1    16
  2.6474736983246999E+01 a        65     0     5     1     1
 -2.0516391821428087E+01 a        66     0     5     1     2
 -5.4571045043380784E-01 a        67     0     5     1     3
  6.7298776029673038E+00 a        68     0     5     1     4
 -7.2645184574113797E-01 a        69     0     5     1     5
  7.7419757032752372E+00 a        70     0     5     1     6
  1.1983701731787205E+01 a        71     0     5     1     7
  4.1040310514265723E+00 a        72     0     5     1     8
  1.7165577158509222E+01 a        73     0     5     1     9
 -9.3586736063618592E-01 a        74     0     5     1    10
 -3.4680035437075749E+00 a        75     0     5     1    11
  1.4195824364709306E+01 a        76     0     5     1    12
 -1.7582662302591949E+01 a        77     0     5     1    13
  6.3165432139393909E+00 a        78     0     5     1    14
  1.4784149717460185E+01 a        79     0     5     1    15
 -1.5736667643943582E+01 a        80     0     5     1    16
 -4.9147139410096402E-01 a        81     0     6     1     1
 -1.0852257360568407E+00 a        82     0     6     1     2
 -3.5672230519947630E+00 a        83     0     6     1     3
 -3.2939072990057150E-01 a        84     0     6     1     4
 -1.4021783006755415E+00 a        85     0     6     1     5
 -1.6908885660705983E+00 a        86     0     6     1     6
  1.4311229689562666E+00 a        87     0     6     1     7
 -4.1659819504197543E-01 a        88     0     6     1     8
  3.4640637988780820E-01 a        89     0     6     1     9
 -2.2548885566777952E+00 a        90     0     6     1    10
  4.8218100408301048E+00 a        91     0     6     1    11
  3.2986192242803609E+00 a        92     0     6     1    12
 -1.6327441684217801E+00 a        93     0     6     1    13
 -1.1651376724355796E-01 a        94     0     6     1    14
 -2.1016345251676198E+00 a        95     0     6     1    15
  2.4705886205641042E-01 a        96     0     6     1    16
  1.0717052201171600E+00 a        97     0     7     1     1
 -3.5908219701562044E-01 a        98     0     7     1     2
  7.2317969805895121E-01 a        99     0     7     1     3
 -2.4706880436592580E+00 a       100     0     7     1     4
 -2.8487363731487521E+00 a       101     0     7     1     5
 -1.5832093300479704E+00 a       102     0     7     1     6
  1.2778705502017371E+00 a       103     0     7     1     7
  5.4949915844421804E-01 a       104     0     7     1     8
  7.1142535256985506E-01 a       105     0     7     1     9
 -1.8998719117109448E+00 a       106     0     7     1    10
  1.8316361521453493E+00 a       107     0     7     1    11
  1.6946848911442833E+00 a       108     0     7     1    12
  2.7240483722245372E+00 a       109     0     7     1    13
  9.0440202758740884E-01 a       110     0     7     1    14
 -2.3914102028600985E+00 a       111     0     7     1    15
  3.6965028841777975E-01 a       112     0     7     1    16
 -5.0894506441520146E+00 a       113     0     8     1     1
  4.8323582455798650E+00 a       114     0     8     1     2
 -3.4361074280392817E-01 a       115     0     8     1     3
 -1.2626654566860778E+00 a       116     0     8     1     4
  3.2647487851878330E+00 a       117     0     8     1     5
 -9.5343908410738115E-02 a       118     0     8     1     6
 -2.3451945369937284E+00 a       119     0     8     1     7
 -2.7367838562902662E+00 a       120     0     8     1     8
 -2.8154821026558374E+00 a       121     0     8     1     9
 -3.0469529276627150E-01 a       122     0     8     1    10
  2.4778804288064880E+00 a       123     0     8     1    11
 -7.9720076490164138E-01 a       124     0     8     1    12
  3.6179518619630766E+00 a       125     0     8     1    13
  1.6354999093797598E+00 a       126     0     8     1    14
 -2.8516407917458948E+00 a       127     0     8     1    15
  5.9724079747958285E+00 a       128     0     8     1    16
  3.0889186004655045E-01 a       129     0     9     1     1
  2.2203140093787706E-02 a       130     0     9     1     2
  9.1373591885401362E-01 a       131     0     9     1     3
 -1.3936164829133205E-01 a       132     0     9     1     4
  1.2100489426395382E+00 a       133     0     9     1     5
  1.0461321064870093E+00 a       134     0     9     1     6
 -7.2594522161057007E-01 a       135     0     9     1     7
 -5.8627054567478978E-02 a       136     0     9     1     8
 -5.2836549283906997E-01 a       137     0     9     1     9
  6.0439424786462881E-01 a       138     0     9     1    10
 -2.4888724627169010E+00 a       139     0     9     1    11
 -1.6027869015985068E+00 a       140     0     9     1    12
  7.5122272500372289E-01 a       141     0     9     1    13
  5.7841753786292760E-01 a       142     0     9     1    14
  5.2405546842683659E-01 a       143     0     9     1    15
  1.0377399638750699E+00 a       144     0     9     1    16
 -3.6990532102460607E+00 a       145     0    10     1     1
 -1.2249630364601416E+01 a       146     0    10     1     2
 -1.1299416042083129E+01 a       147     0    10     1     3
 -1.7012386580928391E+00 a       148     0    10     1     4
  4.6009892353103190E+00 a       149     0    10     1     5
  1.0185172072975812E+01 a       150     0    10     1     6
 -1.2064446619568638E-01 a       151     0    10     1     7
 -5.5701045010888850E-01 a       152     0    10     1     8
  7.1916733046275452E+00 a       153     0    10     1     9
  9.3303043218354098E+00 a       154     0    10     1    10
 -8.6856739892686186E+00 a       155     0    10     1    11
 -9.0925909086238015E+00 a       156     0    10     1    12
  1.9914726882368490E+00 a       157     0    10     1    13
 -2.3969006610295649E+00 a       158     0    10     1    14
 -1.0612292863358272E+01 a       159     0    10     1    15
 -1.6375188460821311E+00 a       160     0    10     1    16
 -1.0646205646980055E+01 a       161     0    11     1     1
 -7.1698452200191420E+00 a       162     0    11     1     2
  7.8176209997396775E+00 a       163     0    11     1     3
  7.4774774976223695E+00 a       164     0    11     1     4
 -8.1649547062159200E-01 a       165     0    11     1     5
 -3.7855054945500153E+00 a       166     0    11     1     6
 -1.6339575288008255E+01 a       167     0    11     1     7
  1.0992450005121268E+00 a       168     0    11     1     8
 -4.8466621247794768E+00 a       169     0    11     1     9
 -5.1770026054129739E+00 a       170     0    11     1    10
  1.0549091163910310E+01 a       171     0    11     1    11
 -1.8519488461496554E+01 a       172     0    11     1    12
 -8.0781516083678397E+00 a       173     0    11     1    13
  2.7977295855937250E+00 a       174     0    11     1    14
  1.1257388644295254E+01 a       175     0    11     1    15
 -2.7272520824453634E+00 a       176     0    11     1    16
  2.6153601115779490E+00 a       177     0    12     1     1
 -1.0382000600049354E+01 a       178     0    12     1     2
 -2.0084389231846686E+01 a       179     0    12     1     3
  1.6257566542453286E+00 a       180     0    12     1     4
 -5.8395788263761546E+00 a       181     0    12     1     5
 -3.2216164122133737E+00 a       182     0    12     1     6
 -1.3209519653675903E+01 a       183     0    12     1     7
 -2.5772549184179354E+00 a       184     0    12     1     8
 -6.5784230348530555E+00 a       185     0    12     1     9
 -6.7102340261256561E+00 a       186     0    12     1    10
 -1.2067817432844130E+01 a       187     0    12     1    11
  2.2632637609465000E+01 a       188     0    12     1    12
 -2.4667899957870110E+00 a       189     0    12     1    13
  8.6774072726471818E+00 a       190     0    12     1    14
  7.2055260936211454E+00 a       191     0    12     1    15
 -1.3064092316347830E+01 a       192     0    12     1    16
 -1.0824434330087277E+01 a       193     0    13     1     1
 -4.8766850536438318E+00 a       194     0    13     1     2
 -1.3984590099822229E+01 a       195     0    13     1     3
 -6.6772930553590903E+00 a       196     0    13     1     4
 -1.6325342069028043E+01 a       197     0    13     1     5
 -3.4771476913960404E+00 a       198     0    13     1     6
 -8.4692744100371198E-01 a       199     0    13     1     7
 -1.1009368628428708E+01 a       200     0    13     1     8
 -7.1288537066779254E+00 a       201     0    13     1     9
 -3.8756842216770209E+00 a       202     0    13     1    10
  2.7084712626497615E-01 a       203     0    13     1    11
 -1.2621096864516197E+01 a       204     0    13     1    12
 -1.0668593072771090E+01 a       205     0    13     1    13
 -1.6954795462357794E+01 a       206     0    13     1    14
  1.7741549658810243E+01 a       207     0    13     1    15
 -5.2102658269237780E+00 a       208     0    13     1    16
 -9.0730067239782186E-01 a       209     0    14     1     1
  2.7381787644789872E+00 a       210     0    14     1     2
 -2.1424973550773355E+01 a       211     0    14     1     3
  5.9100182391318468E+00 a       212     0    14     1     4
 -8.7939823520339875E+00 a       213     0    14     1     5
 -1.0038783856630042E+00 a       214     0    14     1     6
 -7.2415987434360327E-02 a       215     0    14     1     7
  3.6524640715073522E+00 a       216     0    14     1     8
 -1.7498895895788674E+01 a       217     0    14     1     9
 -1.7060495705752338E+01 a       218     0    14     1    10
 -4.8742918513654292E+00 a       219     0    14     1    11
  9.1360302960986957E+00 a       220     0    14     1    12
 -5.7078991795497851E+00 a       221     0    14     1    13
 -1.2067576142388678E+01 a       222     0    14     1    14
 -5.9289551121901285E+00 a       223     0    14     1    15
 -1.7535416026870408E+01 a       224     0    14     1    16
  1.3984424878191664E+01 a       225     0    15     1     1
 -2.4934174129445015E+01 a       226     0    15     1     2
 -5.1011850206657545E+00 a       227     0    15     1     3
 -7.4874350323751804E+00 a       228     0    15     1     4
  1.3459970615581545E+00 a       229     0    15     1     5
  2.4702805629810921E+01 a       230     0    15     1     6
  2.3159523670551255E+01 a       231     0    15     1     7
 -6.3378209595654749E+00 a       232     0    15     1     8
  1.0380081102947159E+01 a       233     0    15     1     9
 -4.9666170818392512E+00 a       234     0    15     1    10
 -5.4745688031779141E+00 a       235     0    15     1    11
  1.6686362627592871E+01 a       236     0    15     1    12
 -6.0273467905856029E+00 a       237     0    15     1    13
  5.3018426725394550E+00 a       238     0    15     1    14
  4.4013499320606071E+00 a       239     0    15     1    15
  1.8806797769737113E+01 a       240     0    15     1    16
 -3.8885939725030063E+00 a       241     0    16     1     1
 -1.5227127372118174E+00 a       242     0    16     1     2
  1.8696466522441251E+00 a       243     0    16     1     3
 -3.2069133361448263E+00 a       244     0    16     1     4
 -3.6117027202286121E+00 a       245     0    16     1     5
 -1.9639777372791190E+00 a       246     0    16     1     6
  3.1355393607408648E+00 a       247     0    16     1     7
 -7.2590357948201705E+00 a       248     0    16     1     8
 -5.1736842167539319E+00 a       249     0    16     1     9
  6.4621552784052891E+00 a       250     0    16     1    10
  6.9734039511473289E-01 a       251     0    16     1    11
  4.4337568429295535E+00 a       252     0    16     1    12
  3.6305448617235431E-01 a       253     0    16     1    13
  1.1699304398106263E+00 a       254     0    16     1    14
 -2.0347051880199571E+00 a       255     0    16     1    15
  1.4428169266831118E+01 a       256     0    16     1    16
  1.7161685676069776E+00 a       257     0    17     1     1
 -3.5869042664089288E+00 a       258     0    17     1     2
 -7.5429726430764144E-01 a       259     0    17     1     3
 -2.1299797992561973E+00 a       260     0    17     1     4
  4.3549858163879307E-01 a       261     0    17     1     5
  3.1626348559374797E+00 a       262     0    17     1     6
  8.2268569405796943E-01 a       263     0    17     1     7
 -1.2917303505194893E+00 a       264     0    17     1     8
  1.4868974503754571E+00 a       265     0    17     1     9
 -8.7897468771364351E-01 a       266     0    17     1    10
  2.1830177536739219E+00 a       267     0    17     1    11
  5.5808426832812250E+00 a       268     0    17     1    12
 -2.3117304431033636E+00 a       269     0    17     1    13
  1.6576706013155666E+00 a       270     0    17     1    14
  5.7848753012935805E-01 a       271     0    17     1    15
  6.2788774845937700E+00 a       272     0    17     1    16
 -1.4281829632020307E-01 a       273     0    18     1     1
  2.8896140704921383E+00 a       274     0    18     1     2
 -1.0572483280295983E+00 a       275     0    18     1     3
 -4.0248579491884534E-01 a       276     0    18     1     4
 -1.3007595450235456E+00 a       277     0    18     1     5
  3.6411480449380522E+00 a       278     0    18     1     6
  5.0600766748923283E+00 a       279     0    18     1     7
 -4.3872302914452401E+00 a       280     0    18     1     8
  2.9927548280854661E+00 a       281     0    18     1     9
  1.7091213907213862E+00 a       282     0    18     1    10
  2.7369193981444395E+00 a       283     0    18     1    11
  3.2407973835118016E+00 a       284     0    18     1    12
 -3.2150744788982277E-01 a       285     0    18     1    13
  1.3209581330370816E+00 a       286     0    18     1    14
  1.1359157438979908E+00 a       287     0    18     1    15
  5.4892499006499120E+00 a       288     0    18     1    16
 -2.1909697811591471E+00 a       289     0    19     1     1
  9.6808440477645572E+00 a       290     0    19     1     2
  6.0958162606081121E+00 a       291     0    19     1     3
  1.6269285274476630E+00 a       292     0    19     1     4
 -2.0560168713112636E+00 a       293     0    19     1     5
  9.2073559355842061E-01 a       294     0    19     1     6
  3.9749126803433157E+00 a       295     0    19     1     7
  5.3943332398869925E-01 a       296     0    19     1     8
  6.2880454680788045E-01 a       297     0    19     1     9
 -4.1824521136916731E-01 a       298     0    19     1    10
 -4.6339855353482369E+00 a       299     0    19     1    11
 -1.6854090000009538E+00 a       300     0    19     1    12
 -1.0610252860221836E+00 a       301     0    19     1    13
 -3.5828568092588866E+00 a       302     0    19     1    14
 -9.1638086685388642E-01 a       303     0    19     1    15
 -4.0742238894066034E+00 a       304     0    19     1    16
 -5.8350165159941991E-01 a       305     0    20     1     1
  2.2668414141503792E+01 a       306     0    20     1     2
  2.4242534292798183E+01 a       307     0    20     1     3
  1.1746048365899038E+00 a       308     0    20     1     4
  8.7925486601511771E-01 a       309     0    20     1     5
 -5.5339037436710941E+00 a       310     0    20     1     6
  8.3307633645952901E+00 a       311     0    20     1     7
 -3.8449741698952318E+00 a       312     0    20     1     8
 -3.1375626840840553E+01 a       313     0    20     1     9
 -2.6478277065239425E+01 a       314     0    20     1    10
  8.9996919003726528E-01 a       315     0    20     1    11
  1.7979655426941360E+01 a       316     0    20     1    12
  3.7771772327597928E+00 a       317     0    20     1    13
  6.3526448804478477E+00 a       318     0    20     1    14
  3.0227907055891560E+01 a       319     0    20     1    15
  4.9462137724592088E+00 a       320     0    20     1    16
  2.6140220430297312E+01 a       321     0    21     1     1
  1.0860799463994281E+01 a       322     0    21     1     2
 -1.2935185782403412E+01 a       323     0    21     1     3
 -1.3754461729614269E+01 a       324     0    21     1     4
  1.8749051027586749E+01 a       325     0    21     1     5
  9.5582754300759110E+00 a       326     0    21     1     6
  1.0600633053530721E+01 a       327     0    21     1     7
  1.5343669554143524E+01 a       328     0    21     1     8
  5.7929112311778708E+00 a       329     0    21     1     9
 -4.5423507072110159E+00 a       330     0    21     1    10
 -1.6983518673372874E+01 a       331     0    21     1    11
  3.7116712265021974E+01 a       332     0    21     1    12
  1.1970677021724734E+01 a       333     0    21     1    13
 -3.1958752866880802E-01 a       334     0    21     1    14
 -1.3912460136605207E+01 a       335     0    21     1    15
 -2.1730357840205777E+01 a       336     0    21     1    16
  2.1460855924051653E+01 a       337     0    22     1     1
 -6.3965288084753400E+00 a       338     0    22     1     2
  3.0069315920666142E+01 a       339     0    22     1     3
 -8.2106981289875876E+00 a       340     0    22     1     4
  3.4014379148547306E+01 a       341     0    22     1     5
  1.2244205095341298E+01 a       342     0    22     1     6
  8.3498477976885219E+00 a       343     0    22     1     7
  7.1737012020497426E+00 a       344     0    22     1     8
  1.2411584072125567E+01 a       345     0    22     1     9
  3.2960577694170605E+00 a       346     0    22     1    10
  2.9786540906971851E+01 a       347     0    22     1    11
 -2.9107796979523538E+01 a       348     0    22     1    12
 -4.7617300749370663E+00 a       349     0    22     1    13
 -2.5151722081201502E-02 a       350     0    22     1    14
 -8.6417371395912959E+00 a       351     0    22     1    15
  2.1695851447703806E+01 a       352     0    22     1    16
 -6.0746320550175561E+00 a       353     0    23     1     1
 -1.5929652574420757E+01 a       354     0    23     1     2
  8.5006050048864061E+00 a       355     0    23     1     3
 -6.3596065413085610E+00 a       356     0    23     1     4
 -7.3571627379921329E+00 a       357     0    23     1     5
 -2.7227055107880753E+00 a       358     0    23     1     6
 -4.4774596340928916E+00 a       359     0    23     1     7
 -1.3676533180434285E+01 a       360     0    23     1     8
  3.1372569363819146E+01 a       361     0    23     1     9
  3.1533892228708673E+01 a       362     0    23     1    10
 -6.2176007568205032E+00 a       363     0    23     1    11
  5.8965221282426317E+00 a       364     0    23     1    12
  1.5910256832500947E+01 a       365     0    23     1    13
  2.8345522404541594E+01 a       366     0    23     1    14
  1.8755420211954991E+01 a       367     0    23     1    15
  2.3525415274010992E+01 a       368     0    23     1    16
  7.4030306244564770E+00 a       369     0    24     1     1
  8.1642869053718083E+00 a       370     0    24     1     2
  4.5967347442115019E+00 a       371     0    24     1     3
  1.1642514290238536E+01 a       372     0    24     1     4
  1.4369703966776218E+01 a       373     0    24     1     5
 -2.1923727494833973E+00 a       374     0    24     1     6
 -5.6900560348797038E+00 a       375     0    24     1     7
  1.4308610084560582E+01 a       376     0    24     1     8
  1.9120092856587931E+01 a       377     0    24     1     9
  1.8397302263233076E+01 a       378     0    24     1    10
 -3.0911165734623265E+00 a       379     0    24     1    11
 -4.8608276453683414E+00 a       380     0    24     1    12
  1.4957602338279267E+01 a       381     0    24     1    13
  1.0302173123352336E+01 a       382     0    24     1    14
 -3.4042679175052562E+01 a       383     0    24     1    15
 -7.4720900220751396E+00 a       384     0    24     1    16
 -8.1194820817017597E+00 a       385     0    25     1     1
 -7.2713580024083830E+00 a       386     0    25     1     2
  3.3223888308068954E+00 a       387     0    25     1     3
  8.0809040021039262E+00 a       388     0    25     1     4
 -5.9990930256665189E+00 a       389     0    25     1     5
 -5.6173938346426038E+00 a       390     0    25     1     6
 -4.1314556719745301E+00 a       391     0    25     1     7
 -4.9922406612269621E-01 a       392     0    25     1     8
 -1.5440033267496360E+00 a       393     0    25     1     9
 -2.5947885000064996E+00 a       394     0    25     1    10
  4.8008578075073256E+00 a       395     0    25     1    11
 -2.3471379458241636E+01 a       396     0    25     1    12
 -4.7980111480703131E+00 a       397     0    25     1    13
 -5.4555906086702366E-01 a       398     0    25     1    14
  3.8462827617470889E+00 a       399     0    25     1    15
 -5.4016809002720150E+00 a       400     0    25     1    16
 -1.9582894414864609E+00 a       401     0    26     1     1
 -3.4851636279333126E-01 a       402     0    26     1     2
 -2.6649447705642637E+00 a       403     0    26     1     3
 -5.7736291547454133E-01 a       404     0    26     1     4
 -1.1278491876560531E-01 a       405     0    26     1     5
  7.7884556250744041E-01 a       406     0    26     1     6
 -2.9216516778726338E+00 a       407     0    26     1     7
 -1.2548567805510902E+00 a       408     0    26     1     8
  2.7019386642401795E+00 a       409     0    26     1     9
  1.5118785819350962E+00 a       410     0    26     1    10
  5.8331737903855210E+00 a       411     0    26     1    11
  1.4502613230028081E+00 a       412     0    26     1    12
 -1.6495624025026163E+00 a       413     0    26     1    13
  3.1308912949120904E-01 a       414     0    26     1    14
 -1.5496448991881560E+00 a       415     0    26     1    15
  2.9127234804256386E+00 a       416     0    26     1    16
 -2.9608022187221330E+00 a       417     0    27     1     1
  2.6913380937928766E+00 a       418     0    27     1     2
 -1.3012613205860006E+00 a       419     0    27     1     3
  2.8407266819352470E+00 a       420     0    27     1     4
 -2.7396499407216783E+00 a       421     0    27     1     5
  3.2316771291251229E+00 a       422     0    27     1     6
 -1.4816714071230647E-01 a       423     0    27     1     7
 -3.5999119237043531E+00 a       424     0    27     1     8
  4.2192813012764443E+00 a       425     0    27     1     9
 -1.3004117863406996E+00 a       426     0    27     1    10
  1.0032587093420680E+01 a       427     0    27     1    11
  8.6184304312268456E-01 a       428     0    27     1    12
 -4.1322592123577895E+00 a       429     0    27     1    13
 -1.4035261421113669E+00 a       430     0    27     1    14
  4.4326941471903494E+00 a       431     0    27     1    15
  3.2435795293764160E+00 a       432     0    27     1    16
 -1.7642350471252626E+00 a       433     0    28     1     1
  1.4426424193514757E+01 a       434     0    28     1     2
  3.7966967221518848E+00 a       435     0    28     1     3
  5.2196641558844341E+00 a       436     0    28     1     4
 -9.2264634821344516E-01 a       437     0    28     1     5
  1.9817843640771089E+00 a       438     0    28     1     6
 -1.2715175124520439E-01 a       439     0    28     1     7
  3.9142981985595839E+00 a       440     0    28     1     8
 -5.9938457738106523E+00 a       441     0    28     1     9
 -9.3539983287083057E+00 a       442     0    28     1    10
 -2.3666743425222121E+00 a       443     0    28     1    11
  2.5429519945991621E+00 a       444     0    28     1    12
 -8.7207426192041204E+00 a       445     0    28     1    13
 -9.2808495948104568E+00 a       446     0    28     1    14
 -2.4621431289623286E+00 a       447     0    28     1    15
 -1.1017583926925898E+01 a       448     0    28     1    16
  4.6925676560891061E-01 a       449     0    29     1     1
 -3.8864872058946123E+00 a       450     0    29     1     2
 -1.6302717390560248E-01 a       451     0    29     1     3
 -2.0885915300786279E-01 a       452     0    29     1     4
 -3.2818968412810183E+00 a       453     0    29     1     5
 -3.7046729745223433E-01 a       454     0    29     1     6
  8.2129155791838904E-01 a       455     0    29     1     7
  1.9602855322225858E+00 a       456     0    29     1     8
  1.0713487967634847E+00 a       457     0    29     1     9
  1.1468531421083936E+00 a       458     0    29     1    10
 -8.0559062733342817E+00 a       459     0    29     1    11
 -6.2197635115448966E+00 a       460     0    29     1    12
 -3.9603192708225216E-01 a       461     0    29     1    13
 -4.8713164416955346E+00 a       462     0    29     1    14
  3.7628662633529703E-01 a       463     0    29     1    15
 -6.3408649478903829E+00 a       464     0    29     1    16
 -4.2528308530199443E-01 a       465     0    30     1     1
 -2.9704972073069595E+00 a       466     0    30     1     2
  7.3522611278987293E+00 a       467     0    30     1     3
 -4.7149140217339475E-01 a       468     0    30     1     4
 -1.1036728909309572E+00 a       469     0    30     1     5
 -6.0203111489791228E+00 a       470     0    30     1     6
 -4.6116283506486404E+00 a       471     0    30     1     7
  4.0563346057436398E+00 a       472     0    30     1     8
 -4.5312147816504815E+00 a       473     0    30     1     9
  2.4631000017054197E+00 a       474     0    30     1    10
 -1.2580639129535406E+01 a       475     0    30     1    11
 -5.8759216686165123E+00 a       476     0    30     1    12
  1.5797273653029120E+00 a       477     0    30     1    13
 -2.3602914541070277E+00 a       478     0    30     1    14
 -2.0845184133351466E+00 a       479     0    30     1    15
 -1.2360658622716580E+00 a       480     0    30     1    16
  2.3452717893147486E+00 a       481     0    31     1     1
 -7.0124119295265137E+00 a       482     0    31     1     2
 -1.4671948483221023E+01 a       483     0    31     1     3
  1.2674253982145328E-01 a       484     0    31     1     4
 -1.2154956534355035E+00 a       485     0    31     1     5
 -3.9150553594917161E+00 a       486     0    31     1     6
 -1.7162232117154905E+00 a       487     0    31     1     7
  3.1508433139385579E+00 a       488     0    31     1     8
 -1.3469546663001987E+01 a       489     0    31     1     9
 -8.5100122417855886E+00 a       490     0    31     1    10
  1.8127410443757823E+00 a       491     0    31     1    11
  3.1213593354786029E-01 a       492     0    31     1    12
  1.1551261894594957E+00 a       493     0    31     1    13
 -7.4925723502560757E+00 a       494     0    31     1    14
 -4.7034777573420223E+00 a       495     0    31     1    15
 -7.5297941711711962E+00 a       496     0    31     1    16
 -9.2510941626226355E+00 a       497     0    32     1     1
  1.5305974510063550E+01 a       498     0    32     1     2
  5.9313267132319902E+00 a       499     0    32     1     3
  4.4614011566360379E+00 a       500     0    32     1     4
 -1.3275952986915709E-01 a       501     0    32     1     5
 -2.4131837352330024E+01 a       502     0    32     1     6
 -2.5133357118477583E+01 a       503     0    32     1     7
  8.1620979904832520E+00 a       504     0    32     1     8
 -8.0373319389906950E+00 a       505     0    32     1     9
  5.5101108751021961E+00 a       506     0    32     1    10
  1.0992336507132302E+01 a       507     0    32     1    11
 -1.0753417015393946E+01 a       508     0    32     1    12
  1.6151014023182564E+00 a       509     0    32     1    13
 -5.0325096670198566E-01 a       510     0    32     1    14
 -6.6694990612533784E+00 a       511     0    32     1    15
 -1.4287044298249524E+01 a       512     0    32     1    16
 -9.6480896466419193E+00 a       513     0    33     1     1
  4.3683259591604306E+00 a       514     0    33     1     2
  6.8938425978894866E+00 a       515     0    33     1     3
 -1.2965496756353987E+00 a       516     0    33     1     4
 -6.4081607862612362E+00 a       517     0    33     1     5
 -5.2473643217512782E+00 a       518     0    33     1     6
  1.6642383556378664E+00 a       519     0    33     1     7
 -6.1581498039568539E-01 a       520     0    33     1     8
 -3.0676926306018819E+00 a       521     0    33     1     9
  5.2969402383655124E+00 a       522     0    33     1    10
 -3.2489882329751589E+00 a       523     0    33     1    11
 -5.1172290782154430E+00 a       524     0    33     1    12
  4.9086303102206275E+00 a       525     0    33     1    13
 -2.4891622698454183E+00 a       526     0    33     1    14
 -1.5146031050049005E+00 a       527     0    33     1    15
  4.7202046346368376E-01 a       528     0    33     1    16
 -1.0100373711917365E+00 a       529     0    34     1     1
  2.6443716339143186E-01 a       530     0    34     1     2
  3.9392047441731706E-02 a       531     0    34     1     3
 -2.7246630713409914E-01 a       532     0    34     1     4
 -8.6031963936877204E-02 a       533     0    34     1     5
  2.1845665114655749E-01 a       534     0    34     1     6
  2.1380552916981169E-01 a       535     0    34     1     7
 -2.2028785126519543E-01 a       536     0    34     1     8
 -9.2261929818665500E-01 a       537     0    34     1     9
 -8.0456338561373919E-01 a       538     0    34     1    10
 -1.6570612593077583E-01 a       539     0    34     1    11
  4.1889818193333278E-01 a       540     0    34     1    12
  3.9961943439810660E-01 a       541     0    34     1    13
 -1.4246695378644938E+00 a       542     0    34     1    14
  9.9222410125080818E-02 a       543     0    34     1    15
 -9.6075466243618535E-01 a       544     0    34     1    16
 -1.8559807739325871E+00 a       545     0    35     1     1
  9.4097811557283995E-01 a       546     0    35     1     2
 -1.5941515662720962E+00 a       547     0    35     1     3
  8.9097289253039047E-01 a       548     0    35     1     4
  8.3506443789097984E-01 a       549     0    35     1     5
  9.9291404775025557E-02 a       550     0    35     1     6
 -1.3573774730305584E-02 a       551     0    35     1     7
 -7.0182024831819445E-01 a       552     0    35     1     8
  5.5150718960312861E-01 a       553     0    35     1     9
 -8.6903937980115575E-01 a       554     0    35     1    10
  2.0470520118610858E+00 a       555     0    35     1    11
  7.9445487056306718E-01 a       556     0    35     1    12
 -3.9903393258553227E-01 a       557     0    35     1    13
 -1.8373720981627983E-01 a       558     0    35     1    14
  1.3582065117287567E-01 a       559     0    35     1    15
 -6.3849182227182788E-01 a       560     0    35     1    16
  5.8290883769781021E-01 a       561     0    36     1     1
  1.5904806228737036E+00 a       562     0    36     1     2
  2.1584084065146483E+00 a       563     0    36     1     3
 -1.6961249589111003E+00 a       564     0    36     1     4
 -7.9937109450839217E-01 a       565     0    36     1     5
  1.3106149744286777E-01 a       566     0    36     1     6
 -7.7725727737693562E-01 a       567     0    36     1     7
  5.3156992780019441E-01 a       568     0    36     1     8
 -1.5552304660726799E+00 a       569     0    36     1     9
  1.4100219967039776E-01 a       570     0    36     1    10
 -2.9706217976430347E+00 a       571     0    36     1    11
  2.2664529133856002E+00 a       572     0    36     1    12
 -9.8427181937748598E-01 a       573     0    36     1    13
 -1.4763418423055683E+00 a       574     0    36     1    14
  9.1921622971037273E-02 a       575     0    36     1    15
 -1.1208629150637978E-01 a       576     0    36     1    16
 -5.2680028703242110E+00 a       577     0    37     1     1
  8.2438574725334544E+00 a       578     0    37     1     2
  4.0829886334021435E+00 a       579     0    37     1     3
  2.6097918230004608E-01 a       580     0    37     1     4
 -3.9930386253727339E+00 a       581     0    37     1     5
  7.6294786023046877E+00 a       582     0    37     1     6
  2.6839937046576554E+00 a       583     0    37     1     7
 -5.8979825664336865E+00 a       584     0    37     1     8
  2.0466826810047061E+00 a       585     0    37     1     9
  5.7764370808250884E+00 a       586     0    37     1    10
 -2.5306667165555994E+00 a       587     0    37     1    11
 -6.8880973910488699E+00 a       588     0    37     1    12
  7.5697961792372208E+00 a       589     0    37     1    13
 -7.9528498474513398E+00 a       590     0    37     1    14
  3.5117692394089097E+00 a       591     0    37     1    15
 -2.1141165097956303E+00 a       592     0    37     1    16
 -1.5103727625880197E+00 a       593     0    38     1     1
  1.2419362326671903E+00 a       594     0    38     1     2
 -9.1137190140637581E-01 a       595     0    38     1     3
 -1.5476268835655003E+00 a       596     0    38     1     4
 -7.0849655432480257E-02 a       597     0    38     1     5
  1.9180648565034599E+00 a       598     0    38     1     6
 -3.3451435046019173E-01 a       599     0    38     1     7
 -1.1440847007909833E+00 a       600     0    38     1     8
 -2.0351411733276481E+00 a       601     0    38     1     9
  9.6640554502525533E-01 a       602     0    38     1    10
 -2.0341346667804392E+00 a       603     0    38     1    11
 -8.0971697881666493E-01 a       604     0    38     1    12
  8.1701613967181022E-02 a       605     0    38     1    13
 -1.1214230651252413E+00 a       606     0    38     1    14
 -7.2696907315240222E-01 a       607     0    38     1    15
  1.8117433917837089E+00 a       608     0    38     1    16
 -2.3560821851256272E-01 a       609     0    39     1     1
  3.0034978642485943E-01 a       610     0    39     1     2
  1.1499093578293229E+01 a       611     0    39     1     3
 -1.4508978715095089E+00 a       612     0    39     1     4
 -4.3792900473717653E+00 a       613     0    39     1     5
  4.2393048482158502E+00 a       614     0    39     1     6
 -2.1866163657009738E+00 a       615     0    39     1     7
  6.3760237184845856E+00 a       616     0    39     1     8
 -2.7185446638232267E+00 a       617     0    39     1     9
 -1.3690736863356314E+00 a       618     0    39     1    10
 -6.3551390177047349E+00 a       619     0    39     1    11
 -3.9955708587006233E+00 a       620     0    39     1    12
  5.9962298598761843E-01 a       621     0    39     1    13
 -8.0039928471942243E+00 a       622     0    39     1    14
  4.7907706440911646E+00 a       623     0    39     1    15
 -1.0608070431194335E+01 a       624     0    39     1    16
 -1.7276604643331470E+00 a       625     0    40     1     1
 -1.6652138896183080E+00 a       626     0    40     1     2
  2.0825632404772454E-01 a       627     0    40     1     3
 -3.3770601584866076E+00 a       628     0    40     1     4
  1.8826494442298629E+00 a       629     0    40     1     5
  2.0049549142020981E+00 a       630     0    40     1     6
 -1.0213309131630859E-01 a       631     0    40     1     7
 -4.3593070250328714E-02 a       632     0    40     1     8
 -4.3252489086931716E+00 a       633     0    40     1     9
 -1.0645475629020960E-01 a       634     0    40     1    10
 -1.7826245488880847E+00 a       635     0    40     1    11
 -5.7762700749036988E-01 a       636     0    40     1    12
  1.4140503609380446E+00 a       637     0    40     1    13
 -8.2216312579798001E-02 a       638     0    40     1    14
  3.3063585869472939E-01 a       639     0    40     1    15
 -1.4017885975221809E+00 a       640     0    40     1    16
  1.0100941708127369E+00 a       641     0    41     1     1
 -8.8060957048631472E-01 a       642     0    41     1     2
  3.8781060478486231E+00 a       643     0    41     1     3
  1.4382973418818529E-01 a       644     0    41     1     4
 -2.4758034889733320E+00 a       645     0    41     1     5
 -1.0777122516819364E+00 a       646     0    41     1     6
 -3.7245027893170241E-01 a       647     0    41     1     7
  3.1966693705028644E+00 a       648     0    41     1     8
  9.5590971321626350E-01 a       649     0    41     1     9
 -2.2351927034557892E-01 a       650     0    41     1    10
  7.1390882167117231E-01 a       651     0    41     1    11
 -1.2691327110941611E-01 a       652     0    41     1    12
  1.0110029662337554E+00 a       653     0    41     1    13
 -1.6344774826052997E+00 a       654     0    41     1    14
  4.7115601342753793E-01 a       655     0    41     1    15
 -4.2136321978844968E+00 a       656     0    41     1    16
 -1.5258610990618415E+00 a       657     0    42     1     1
  1.2553768349357787E+01 a       658     0    42     1     2
  7.0878703803380363E+00 a       659     0    42     1     3
  5.6558992935489725E+00 a       660     0    42     1     4
 -5.8416943322632111E+00 a       661     0    42     1     5
 -1.0356900290203723E+00 a       662     0    42     1     6
  1.0145612313270735E+01 a       663     0    42     1     7
 -2.5697505700778418E+00 a       664     0    42     1     8
  1.7398898466177545E+01 a       665     0    42     1     9
 -1.7708198302681823E+00 a       666     0    42     1    10
  1.3300818507234053E+01 a       667     0    42     1    11
  1.3915289993840492E+01 a       668     0    42     1    12
  1.0953990939174004E+01 a       669     0    42     1    13
 -4.8127680538722348E+00 a       670     0    42     1    14
  7.5165404591810114E+00 a       671     0    42     1    15
  9.6901782677152202E+00 a       672     0    42     1    16
  1.4760194813765517E+01 a       673     0    43     1     1
 -2.0655871691362190E+01 a       674     0    43     1     2
 -1.3904458261675380E+01 a       675     0    43     1     3
 -3.3242426052926097E+00 a       676     0    43     1     4
 -3.1243170062497079E+00 a       677     0    43     1     5
 -1.7232944813841673E+01 a       678     0    43     1     6
 -7.9529372343575044E+00 a       679     0    43     1     7
  1.2838257894337227E+01 a       680     0    43     1     8
  2.4570232498255122E+00 a       681     0    43     1     9
 -1.4074140351190660E+01 a       682     0    43     1    10
  1.6559459003961933E+01 a       683     0    43     1    11
  1.9910113122319014E+01 a       684     0    43     1    12
 -1.5156659395470252E+01 a       685     0    43     1    13
  1.2041418206036285E+01 a       686     0    43     1    14
 -6.9085153752000323E+00 a       687     0    43     1    15
  1.1439921514789743E+01 a       688     0    43     1    16
  4.3845069921318656E+00 a       689     0    44     1     1
 -2.3020730843376089E+00 a       690     0    44     1     2
  1.4591950675627436E+00 a       691     0    44     1     3
  1.7720151105825634E+00 a       692     0    44     1     4
 -4.8806673250922890E+00 a       693     0    44     1     5
 -2.5594899895798577E+00 a       694     0    44     1     6
  4.2570905238282837E+00 a       695     0    44     1     7
  8.5521080341984845E-01 a       696     0    44     1     8
  6.9241166812601316E+00 a       697     0    44     1     9
 -1.1574977098774974E+00 a       698     0    44     1    10
  5.8884280644476421E+00 a       699     0    44     1    11
  1.1609021251306448E+00 a       700     0    44     1    12
  3.0161722473542265E+00 a       701     0    44     1    13
 -8.6592154591839682E-05 a       702     0    44     1    14
  7.7661234103006027E-01 a       703     0    44     1    15
 -1.4982637951095914E+00 a       704     0    44     1    16
 -4.2718891363240372E+00 a       705     0    45     1     1
  1.3378628380727868E+00 a       706     0    45     1     2
 -1.9273103609407627E+01 a       707     0    45     1     3
 -1.9727504398460658E+00 a       708     0    45     1     4
  3.3979091350518211E+00 a       709     0    45     1     5
  4.4727272626953312E+00 a       710     0    45     1     6
 -1.6659999034499178E+00 a       711     0    45     1     7
 -1.3736863127059895E+01 a       712     0    45     1     8
  5.0469641051426428E-01 a       713     0    45     1     9
  2.5327589259827947E+00 a       714     0    45     1    10
  1.0199239091005348E+01 a       715     0    45     1    11
  4.9358789732315635E+00 a       716     0    45     1    12
  3.5476564584392238E+00 a       717     0    45     1    13
  2.6057850655688570E+00 a       718     0    45     1    14
 -2.6243333731709786E+00 a       719     0    45     1    15
  1.9855765837352273E+01 a       720     0    45     1    16
  3.0169562171138387E-01 a       721     0    46     1     1
 -3.5812486089964163E-01 a       722     0    46     1     2
 -1.8577842781613104E+01 a       723     0    46     1     3
  2.6276745372499253E+00 a       724     0    46     1     4
 -5.6970144113285812E+00 a       725     0    46     1     5
 -6.4048609800052363E+00 a       726     0    46     1     6
  3.8865906955486520E+00 a       727     0    46     1     7
 -9.9335140491665861E+00 a       728     0    46     1     8
  6.1040761984206551E+00 a       729     0    46     1     9
 -6.0565804724949712E-01 a       730     0    46     1    10
  2.3397385613990942E+01 a       731     0    46     1    11
  2.1692330849460091E+00 a       732     0    46     1    12
 -4.3394270766897618E+00 a       733     0    46     1    13
  2.9658196060339730E+00 a       734     0    46     1    14
 -4.4728897782070742E+00 a       735     0    46     1    15
  9.0264051780955334E+00 a       736     0    46     1    16
 -3.1375674660535831E+00 a       737     0    47     1     1
  3.9614230283452252E+00 a       738     0    47     1     2
 -9.3349601176022325E+00 a       739     0    47     1     3
 -8.2737912787402634E-01 a       740     0    47     1     4
  7.5756677400120331E+00 a       741     0    47     1     5
  2.4109044768815946E+00 a       742     0    47     1     6
  2.1862710381183317E+00 a       743     0    47     1     7
 -1.0612636205167954E+01 a       744     0    47     1     8
 -6.6599669628777958E-01 a       745     0    47     1     9
  1.1407902587678407E+00 a       746     0    47     1    10
  4.7811861849518094E+00 a       747     0    47     1    11
  1.1702080976787297E+00 a       748     0    47     1    12
 -6.0797892836294460E+00 a       749     0    47     1    13
  5.9427808824576411E+00 a       750     0    47     1    14
  6.8711116032773922E-01 a       751     0    47     1    15
  9.5461467098520405E+00 a       752     0    47     1    16
 -5.0242702748593429E+00 a       753     0    48     1     1
 -1.2285557756961456E+01 a       754     0    48     1     2
 -2.6670038736065389E+00 a       755     0    48     1     3
 -9.6654884602469266E+00 a       756     0    48     1     4
  4.7948404830408231E-01 a       757     0    48     1     5
  7.2272221120408418E+00 a       758     0    48     1     6
  4.5686418955822194E+00 a       759     0    48     1     7
 -1.7793375181206381E+00 a       760     0    48     1     8
 -1.3986171607648696E+01 a       761     0    48     1     9
  3.9419257126547613E-01 a       762     0    48     1    10
 -2.3830280158266298E+01 a       763     0    48     1    11
 -1.0692202880713747E+01 a       764     0    48     1    12
 -7.8672328957143076E+00 a       765     0    48     1    13
 -5.0857489321293144E-02 a       766     0    48     1    14
 -8.6251442956742999E+00 a       767     0    48     1    15
  8.3651813809551481E+00 a       768     0    48     1    16
 -2.1430967533667461E-01 a       769     0    49     1     1
 -6.1816198368200503E-01 a       770     0    49     1     2
 -1.4984017191601424E+00 a       771     0    49     1     3
 -1.6632585438339870E-01 a       772     0    49     1     4
  7.1835951356806249E-01 a       773     0    49     1     5
 -5.0018642606153865E-02 a       774     0    49     1     6
  9.3803644041181045E-01 a       775     0    49     1     7
 -8.0774302687834743E-01 a       776     0    49     1     8
 -1.1399602304966647E+00 a       777     0    49     1     9
 -6.2213201008437358E-01 a       778     0    49     1    10
 -1.1922933178147408E+00 a       779     0    49     1    11
  5.3469888187104031E-01 a       780     0    49     1    12
 -8.9639967273738885E-01 a       781     0    49     1    13
 -1.4108182222061671E-01 a       782     0    49     1    14
 -3.4098332221473360E-01 a       783     0    49     1    15
  1.0073586610388354E+00 a       784     0    49     1    16
  3.8984880764235713E-01 a       785     0    50     1     1
  2.6580529007536646E-01 a       786     0    50     1     2
 -2.1231641189691736E-01 a       787     0    50     1     3
  1.6551167440575007E-01 a       788     0    50     1     4
  5.5343464718079372E-01 a       789     0    50     1     5
  3.1723639319724212E-01 a       790     0    50     1     6
 -4.7324844099886831E-01 a       791     0    50     1     7
 -4.7587592881274177E-01 a       792     0    50     1     8
  2.4534837708235324E-01 a       793     0    50     1     9
  9.4074484636791722E-01 a       794     0    50     1    10
 -2.7348233154302209E-01 a       795     0    50     1    11
  1.2789343879406231E-01 a       796     0    50     1    12
 -8.9296552069765400E-03 a       797     0    50     1    13
  5.7705545200450359E-01 a       798     0    50     1    14
 -7.0338999276394976E-02 a       799     0    50     1    15
  9.9093179518936680E-01 a       800     0    50     1    16
  1.1680386601118495E-01 a       801     0    51     1     1
 -8.6126344154600754E-01 a       802     0    51     1     2
 -5.8957962756129068E-01 a       803     0    51     1     3
 -3.4571599520781665E-01 a       804     0    51     1     4
 -7.3165549598833479E-01 a       805     0    51     1     5
 -9.6454955711441204E-01 a       806     0    51     1     6
 -1.9415632453409442E+00 a       807     0    51     1     7
  1.7398463578777883E+00 a       808     0    51     1     8
 -2.3785873115646385E+00 a       809     0    51     1     9
 -1.8518879688904191E-01 a       810     0    51     1    10
 -1.3893157702144614E+00 a       811     0    51     1    11
 -1.9100480088898268E+00 a       812     0    51     1    12
 -6.9830828355253050E-01 a       813     0    51     1    13
 -6.0568926134212342E-01 a       814     0    51     1    14
 -9.4389189911137650E-01 a       815     0    51     1    15
 -2.7553427789703138E+00 a       816     0    51     1    16
 -6.2931066673910721E+00 a       817     0    52     1     1
  1.5497415573209231E+01 a       818     0    52     1     2
  4.4157592901506275E+00 a       819     0    52     1     3
  4.2693607266721856E-01 a       820     0    52     1     4
  2.9594449004322545E+00 a       821     0    52     1     5
  1.0422713152908644E+01 a       822     0    52     1     6
  2.9119598305891405E+00 a       823     0    52     1     7
 -9.0786945758973374E+00 a       824     0    52     1     8
  7.5863444359826682E-01 a       825     0    52     1     9
  7.9848825066562981E+00 a       826     0    52     1    10
 -5.5747851788208340E+00 a       827     0    52     1    11
 -5.9170158612584736E+00 a       828     0    52     1    12
  6.1458084752099618E+00 a       829     0    52     1    13
 -2.0161330020191701E+00 a       830     0    52     1    14
  3.7172138277941742E+00 a       831     0    52     1    15
  3.5236735022227119E+00 a       832     0    52     1    16
 -1.4053773531938412E+00 a       833     0    53     1     1
  2.7160993076688880E+00 a       834     0    53     1     2
  9.9426783835876206E-02 a       835     0    53     1     3
 -1.3325409317307486E+00 a       836     0    53     1     4
  1.0825030021028932E+00 a       837     0    53     1     5
  2.2508401741235442E+00 a       838     0    53     1     6
 -6.5303506027887703E-01 a       839     0    53     1     7
 -5.4837838325150068E-01 a       840     0    53     1     8
 -2.8182073996545087E+00 a       841     0    53     1     9
  9.9051025410322369E-01 a       842     0    53     1    10
 -4.6151305655718540E+00 a       843     0    53     1    11
  4.3712670288247479E-01 a       844     0    53     1    12
 -5.6499010972407371E-01 a       845     0    53     1    13
 -6.2718508041367482E-01 a       846     0    53     1    14
 -9.2620440302468010E-01 a       847     0    53     1    15
  2.4324030704767985E+00 a       848     0    53     1    16
  9.5539032503346444E-01 a       849     0    54     1     1
  8.0394117087476191E-01 a       850     0    54     1     2
  6.7685089019983780E+00 a       851     0    54     1     3
  2.6371540781502083E+00 a       852     0    54     1     4
 -3.6325560874549314E+00 a       853     0    54     1     5
 -9.3541431135925934E-01 a       854     0    54     1     6
  7.3949748728843039E+00 a       855     0    54     1     7
  5.4332308171767618E+00 a       856     0    54     1     8
  4.4986363082340626E+00 a       857     0    54     1     9
 -2.3223940363660129E+00 a       858     0    54     1    10
 -5.7732737635692564E+00 a       859     0    54     1    11
  5.0682598894802333E-01 a       860     0    54     1    12
 -5.3750439842800599E+00 a       861     0    54     1    13
 -5.9556240927861639E+00 a       862     0    54     1    14
  1.4290859503400117E+00 a       863     0    54     1    15
 -9.5678691074089439E+00 a       864     0    54     1    16
  2.5792451483360561E+00 a       865     0    55     1     1
  1.1013926327696340E+00 a       866     0    55     1     2
  1.3841421075329889E+01 a       867     0    55     1     3
 -4.7082039935908088E-01 a       868     0    55     1     4
  1.2708515035643586E+00 a       869     0    55     1     5
  5.8721818085121980E+00 a       870     0    55     1     6
  1.7490512249937380E-02 a       871     0    55     1     7
  7.8723061449458349E+00 a       872     0    55     1     8
  3.4234857641412947E-01 a       873     0    55     1     9
  1.4263734441388534E+00 a       874     0    55     1    10
 -1.9941152891468747E+01 a       875     0    55     1    11
 -2.3671680654125917E+00 a       876     0    55     1    12
  3.3986401902169252E+00 a       877     0    55     1    13
 -3.9452662793113054E+00 a       878     0    55     1    14
  2.2253682238316381E+00 a       879     0    55     1    15
 -4.2839499768257641E+00 a       880     0    55     1    16
  3.2733066604349319E+00 a       881     0    56     1     1
 -2.1458306488895115E-02 a       882     0    56     1     2
  6.8260050195257991E+00 a       883     0    56     1     3
  1.5759374608243228E+00 a       884     0    56     1     4
 -4.2698037311978485E+00 a       885     0    56     1     5
 -1.0321948582323286E+00 a       886     0    56     1     6
  1.3281262213579810E+00 a       887     0    56     1     7
  6.1778625221275529E+00 a       888     0    56     1     8
  3.9314493060964750E+00 a       889     0    56     1     9
 -1.6822315383021789E+00 a       890     0    56     1    10
 -5.9715790642341986E+00 a       891     0    56     1    11
 -1.4631843144754726E+00 a       892     0    56     1    12
  2.3674850751425054E+00 a       893     0    56     1    13
 -4.7668184712868946E+00 a       894     0    56     1    14
 -8.4451303377484521E-02 a       895     0    56     1    15
 -3.9791830217293813E+00 a       896     0    56     1    16
  6.8768943583340416E+00 a       897     0    57     1     1
  9.3679085294347519E+00 a       898     0    57     1     2
  5.1739207299825400E+00 a       899     0    57     1     3
  4.4236934843305491E+00 a       900     0    57     1     4
 -2.2209661937586938E+00 a       901     0    57     1     5
 -1.4832327683015758E+00 a       902     0    57     1     6
 -1.7747021040992266E+00 a       903     0    57     1     7
  5.1605733634624640E+00 a       904     0    57     1     8
  9.3378918189528033E+00 a       905     0    57     1     9
 -1.6729693738402029E+00 a       906     0    57     1    10
  2.8693139857594505E+00 a       907     0    57     1    11
  6.4776415378816576E+00 a       908     0    57     1    12
  7.8373827706655030E-01 a       909     0    57     1    13
 -5.9797015022042928E+00 a       910     0    57     1    14
  4.4788147488842291E+00 a       911     0    57     1    15
 -4.4931100333586089E+00 a       912     0    57     1    16
 -3.4361535020728418E-01 a       913     0    58     1     1
  1.1611772909902451E+00 a       914     0    58     1     2
 -6.4422977922036901E+00 a       915     0    58     1     3
  2.0497916944927836E+00 a       916     0    58     1     4
  7.5598682148335450E-01 a       917     0    58     1     5
 -5.8604392963378649E+00 a       918     0    58     1     6
  1.7953566924514412E+00 a       919     0    58     1     7
 -2.1744670914240980E+00 a       920     0    58     1     8
  3.7463239816966261E+00 a       921     0    58     1     9
 -9.0340296992834593E-02 a       922     0    58     1    10
  6.5143129371979880E+00 a       923     0    58     1    11
  3.6859238017370486E+00 a       924     0    58     1    12
 -2.5239655458859001E+00 a       925     0    58     1    13
  3.8318886813055535E+00 a       926     0    58     1    14
 -3.7581376038182337E+00 a       927     0    58     1    15
  3.6530983357482270E+00 a       928     0    58     1    16
 -3.6930302717876728E-01 a       929     0    59     1     1
 -3.6447596351267055E+00 a       930     0    59     1     2
 -6.8353732600661496E+00 a       931     0    59     1     3
 -1.1760842310971960E+00 a       932     0    59     1     4
  8.8045205055158871E+00 a       933     0    59     1     5
  1.6044976241041264E-01 a       934     0    59     1     6
 -1.2461920425127532E+01 a       935     0    59     1     7
 -1.2737025160102919E+00 a       936     0    59     1     8
 -8.8863450055739417E+00 a       937     0    59     1     9
  2.5596315915673942E+00 a       938     0    59     1    10
  5.9014939921213490E+00 a       939     0    59     1    11
 -7.4298108285050857E+00 a       940     0    59     1    12
 -4.7761285973976113E+00 a       941     0    59     1    13
  8.5301923002314997E+00 a       942     0    59     1    14
 -3.1970816310008972E+00 a       943     0    59     1    15
 -9.3832176135911638E+00 a       944     0    59     1    16
 -2.3705801858213982E+00 a       945     0    60     1     1
 -1.6553599105630221E+00 a       946     0    60     1     2
  2.7974043682920069E+00 a       947     0    60     1     3
  1.9074268268699226E+00 a       948     0    60     1     4
  2.5324338166068263E+00 a       949     0    60     1     5
 -1.1350108957934459E+00 a       950     0    60     1     6
  7.7093548742322471E-01 a       951     0    60     1     7
  8.0811864190555260E-01 a       952     0    60     1     8
 -2.7512251708313089E+00 a       953     0    60     1     9
  7.5446083919315476E-01 a       954     0    60     1    10
 -4.4263672972517289E+00 a       955     0    60     1    11
 -6.5183328551796915E+00 a       956     0    60     1    12
  2.8603097530924124E+00 a       957     0    60     1    13
 -1.6060337503704785E+00 a       958     0    60     1    14
 -1.0504402037331848E+00 a       959     0    60     1    15
 -9.0981762872994061E+00 a       960     0    60     1    16
 -1.3422473876672760E+00 a       961     0    61     1     1
 -1.1021622392358907E+00 a       962     0    61     1     2
 -2.4147644711564511E+00 a       963     0    61     1     3
  6.1457421799541145E-01 a       964     0    61     1     4
  3.3050823854073657E+00 a       965     0    61     1     5
 -1.8260559805101253E+00 a       966     0    61     1     6
 -2.7096393774388958E+00 a       967     0    61     1     7
 -2.7842551210168442E-01 a       968     0    61     1     8
 -1.4939181376318986E+00 a       969     0    61     1     9
 -6.1555366851424487E-01 a       970     0    61     1    10
  1.7354604252845467E+00 a       971     0    61     1    11
 -5.4892421349378506E-01 a       972     0    61     1    12
 -1.9858097249435578E+00 a       973     0    61     1    13
  1.8727268412499911E+00 a       974     0    61     1    14
 -5.6627116857705873E-01 a       975     0    61     1    15
 -8.2273129251935950E-01 a       976     0    61     1    16
  4.9876412474062564E+00 a       977     0    62     1     1
 -4.2448756726103545E+00 a       978     0    62     1     2
  6.6329154650387787E+00 a       979     0    62     1     3
 -1.3312549836597518E+00 a       980     0    62     1     4
  3.3127889623869393E+00 a       981     0    62     1     5
 -5.6168327173951982E-01 a       982     0    62     1     6
 -5.3678729942075671E+00 a       983     0    62     1     7
  4.0894197809722437E+00 a       984     0    62     1     8
 -4.3926998171968981E+00 a       985     0    62     1     9
  1.4035843910067822E+00 a       986     0    62     1    10
 -5.0819544347067218E+00 a       987     0    62     1    11
 -5.7339354250128931E+00 a       988     0    62     1    12
  1.9991025067830870E+00 a       989     0    62     1    13
  6.4163284718323190E+00 a       990     0    62     1    14
  4.9536734881557548E-01 a       991     0    62     1    15
 -2.1945440870840551E+00 a       992     0    62     1    16
 -1.0148054077520747E+00 a       993     0    63     1     1
 -3.3333686586287632E+00 a       994     0    63     1     2
 -2.1445654318695606E+00 a       995     0    63     1     3
 -1.2729776455680746E+00 a       996     0    63     1     4
  3.3567614322246786E-01 a       997     0    63     1     5
 -8.8597903702501912E-01 a       998     0    63     1     6
 -4.8010080095391219E+00 a       999     0    63     1     7
  6.4298093675365386E-01 a      1000     0    63     1     8
 -4.7437032682894982E+00 a      1001     0    63     1     9
 -1.4886068066463731E-01 a      1002     0    63     1    10
  1.2882659184461793E+00 a      1003     0    63     1    11
  5.0608152749671587E-01 a      1004     0    63     1    12
  2.5670080871157288E+00 a      1005     0    63     1    13
  9.7794971174819323E-01 a      1006     0    63     1    14
 -1.5721658043604085E+00 a      1007     0    63     1    15
  1.3333212033781758E-01 a      1008     0    63     1    16
 -2.5246776596400515E+00 a      1009     0    64     1     1
 -4.5252618768269626E+00 a      1010     0    64     1     2
 -5.1244600349300651E+00 a      1011     0    64     1     3
  2.6352590519942822E+00 a      1012     0    64     1     4
  2.3767030276733045E+00 a      1013     0    64     1     5
 -1.9878453252873713E+00 a      1014     0    64     1     6
  7.8780004552449800E-01 a      1015     0    64     1     7
 -2.9445598771972712E+00 a      1016     0    64     1     8
  4.2952774175154174E-01 a      1017     0    64     1     9
  8.9075982971198409E-01 a      1018     0    64     1    10
  1.0316973183578860E+01 a      1019     0    64     1    11
 -2.0583573690082511E+00 a      1020     0    64     1    12
  3.8762282396524297E+00 a      1021     0    64     1    13
  6.0940574650242043E+00 a      1022     0    64     1    14
  8.1518605574315922E-02 a      1023     0    64     1    15
  2.5442540528976934E+00 a      1024     0    64     1    16
  4.6790502735934388E-02 b      1025     1     1
  3.2800654164266321E-02 b      1026     1     2
  7.5609120845767963E-01 b      1027     1     3
  1.1226123856328864E-01 b      1028     1     4
  6.3678530867475736E-01 b      1029     1     5
  2.9681641457329555E-01 b      1030     1     6
 -1.4295582190739603E-01 b      1031     1     7
  3.6398679666181849E-02 b      1032     1     8
  9.5807357937487597E-02 b      1033     1     9
  3.9965696058178313E-01 b      1034     1    10
  5.7070551145287585E-01 b      1035     1    11
  9.0305470355703354E-02 b      1036     1    12
  2.0889018057426889E-01 b      1037     1    13
  1.0181017387291323E-01 b      1038     1    14
  3.0875932727724514E-01 b      1039     1    15
  2.9358330433444652E-01 b      1040     1    16
  1.2171720193107925E-01 a      1041     1     1     2     1
 -1.3141914497954765E+00 a      1042     1     1     2     2
  1.0160163717817275E-01 a      1043     1     1     2     3
  6.5425064205766992E-02 a      1044     1     1     2     4
 -4.4881169855769326E-01 a      1045     1     1     2     5
  1.0671753056982407E+00 a      1046     1     1     2     6
 -5.4424132797286673E-01 a      1047     1     1     2     7
  1.0180713924911760E+00 a      1048     1     1     2     8
 -1.9037259721441374E-01 a      1049     1     1     2     9
 -4.7194524534087873E-01 a      1050     1     1     2    10
  2.7580961142553657E+00 a      1051     1     1     2    11
 -8.4964092264763313E-02 a      1052     1     1     2    12
  6.1406563074427445E-01 a      1053     1     1     2    13
  7.0631236128374053E-01 a      1054     1     1     2    14
 -4.0324475184264297E-01 a      1055     1     1     2    15
 -5.4416274396920949E-01 a      1056     1     1     2    16
 -1.9264091355998700E+00 a      1057     1     2     2     1
 -4.0862359443899460E-01 a      1058     1     2     2     2
  8.8281392427028191E-02 a      1059     1     2     2     3
 -3.6670099829303394E-02 a      1060     1     2     2     4
 -9.3297439872356669E-02 a      1061     1     2     2     5
 -2.5014913965134746E+00 a      1062     1     2     2     6
 -1.1319211220351197E+00 a      1063     1     2     2     7
 -8.8165774517346418E-02 a      1064     1     2     2     8
  1.6867214965229453E+00 a      1065     1     2     2     9
 -1.4798337156285993E-01 a      1066     1     2     2    10
  4.9028976922977181E+00 a      1067     1     2     2    11
  2.2063193520353481E-02 a      1068     1     2     2    12
 -1.7388010101619442E-01 a      1069     1     2     2    13
  3.1822001991973148E-01 a      1070     1     2     2    14
 -1.4302962403845026E-01 a      1071     1     2     2    15
  4.6697718446995451E-01 a      1072     1     2     2    16
  3.1802002314692629E-01 a      1073     1     3     2     1
  1.5114055273928531E-01 a      1074     1     3     2     2
  5.4699805801749893E-02 a      1075     1     3     2     3
 -4.3297595967486507E-01 a      1076     1     3     2     4
 -2.7842454857560472E-01 a      1077     1     3     2     5
  1.6202749129515575E+00 a      1078     1     3     2     6
  7.8026723912904594E-01 a      1079     1     3     2     7
 -2.2155464387110066E-01 a      1080     1     3     2     8
 -5.8661111066506055E-01 a      1081     1     3     2     9
  3.4788472829156904E-02 a      1082     1     3     2    10
  4.2656809994775846E-01 a      1083     1     3     2    11
 -3.1127220693153934E-01 a      1084     1     3     2    12
 -5.4374274866630568E-01 a      1085     1     3     2    13
 -3.3465716832806475E-01 a      1086     1     3     2    14
  4.4423825846657583E-01 a      1087     1     3     2    15
  9.8994049207897131E-02 a      1088     1     3     2    16
  1.9698326859157955E+00 a      1089     1     4     2     1
 -3.3652716935157923E+00 a      1090     1     4     2     2
  9.2715303332878252E-01 a      1091     1     4     2     3
 -3.8522340562921442E-01 a      1092     1     4     2     4
 -6.0246274036982950E-01 a      1093     1     4     2     5
 -1.5355204115311946E-01 a      1094     1     4     2     6
 -1.2497582106494116E+00 a      1095     1     4     2     7
 -3.7478491675021666E-02 a      1096     1     4     2     8
 -5.6479666822054742E-01 a      1097     1     4     2     9
  2.0933561297106031E-02 a      1098     1     4     2    10
 -1.0410358266641040E+01 a      1099     1     4     2    11
 -7.5649908792544684E-01 a      1100     1     4     2    12
 -6.3097060545355210E-01 a      1101     1     4     2    13
  3.5279293258767153E-01 a      1102     1     4     2    14
 -4.1294687633446836E-01 a      1103     1     4     2    15
  2.1865295492818243E-01 a      1104     1     4     2    16
  2.0287889782087523E-01 a      1105     1     5     2     1
  6.4592459890935927E-01 a      1106     1     5     2     2
  1.0720899170690017E+00 a      1107     1     5     2     3
 -3.7986626201446334E-02 a      1108     1     5     2     4
  7.8355402660595330E-01 a      1109     1     5     2     5
 -1.1265063026106682E-01 a      1110     1     5     2     6
  1.2279523602795768E+00 a      1111     1     5     2     7
 -7.6176013891173489E-01 a      1112     1     5     2     8
  2.4174351859094720E+00 a      1113     1     5     2     9
 -6.8080934581474806E-01 a      1114     1     5     2    10
 -1.4461118403461628E+00 a      1115     1     5     2    11
 -7.9236761529891508E-01 a      1116     1     5     2    12
 -7.0070156983320664E-01 a      1117     1     5     2    13
 -1.6856459313231882E+00 a      1118     1     5     2    14
  1.0184463115552032E+00 a      1119     1     5     2    15
 -7.6187347834060448E-01 a      1120     1     5     2    16
  3.8477078007612359E-01 a      1121     1     6     2     1
 -7.0335543317209070E-01 a      1122     1     6     2     2
  3.9978088079335899E-01 a      1123     1     6     2     3
 -8.3783412242384181E-01 a      1124     1     6     2     4
 -1.0269961109825492E+00 a      1125     1     6     2     5
  1.5728849812996506E+00 a      1126     1     6     2     6
 -5.6590284211084851E-01 a      1127     1     6     2     7
 -8.3505479286497181E-02 a      1128     1     6     2     8
 -6.6738075172508623E-03 a      1129     1     6     2     9
 -4.1747666241426096E-01 a      1130     1     6     2    10
  3.9202940012438597E-01 a      1131     1     6     2    11
 -2.9265454373973399E-01 a      1132     1     6     2    12
  2.8979013062699749E-01 a      1133     1     6     2    13
 -7.0322054331091621E-01 a      1134     1     6     2    14
 -9.1914218619532861E-01 a      1135     1     6     2    15
 -5.7886308795983950E-02 a      1136     1     6     2    16
  1.1597569805867729E+00 a      1137     1     7     2     1
 -1.5423825454460593E-01 a      1138     1     7     2     2
  1.2235386129480910E+00 a      1139     1     7     2     3
 -6.1548193489178227E-01 a      1140     1     7     2     4
 -1.1792121435849480E-01 a      1141     1     7     2     5
  7.6474523868383049E-01 a      1142     1     7     2     6
  4.3281770794874580E-01 a      1143     1     7     2     7
 -1.1354626676789006E+00 a      1144     1     7     2     8
 -7.8014115391028793E-01 a      1145     1     7     2     9
  5.7963451194549709E-01 a      1146     1     7     2    10
  1.8198934706584191E+00 a      1147     1     7     2    11
 -4.7860406002246914E-01 a      1148     1     7     2    12
 -4.8339153067664603E-01 a      1149     1     7     2    13
 -8.9249852096762328E-01 a      1150     1     7     2    14
  2.0019888611978237E-01 a      1151     1     7     2    15
  7.0627049372961759E-01 a      1152     1     7     2    16
  5.8259111674522057E-01 a      1153     1     8     2     1
 -5.5880865642118460E-01 a      1154     1     8     2     2
  1.5617733570094894E+00 a      1155     1     8     2     3
 -6.2173690700131834E-01 a      1156     1     8     2     4
  6.1238688150273812E-01 a      1157     1     8     2     5
 -2.3632836334607483E+00 a      1158     1     8     2     6
 -1.7088118537912997E-01 a      1159     1     8     2     7
 -1.5970712225786801E+00 a      1160     1     8     2     8
  2.0077295670736319E+00 a      1161     1     8     2     9
 -1.3305344985228335E-02 a      1162     1     8     2    10
 -2.2993777178540133E+00 a      1163     1     8     2    11
 -6.6759910221554253E-01 a      1164     1     8     2    12
 -2.7531382925866643E-01 a      1165     1     8     2    13
 -1.4537855934510915E+00 a      1166     1     8     2    14
 -2.1534231760146774E-01 a      1167     1     8     2    15
 -3.2716060254535342E-02 a      1168     1     8     2    16
 -1.2412697129801036E+00 a      1169     1     9     2     1
  1.8199646271905838E+00 a      1170     1     9     2     2
 -1.5781005435742810E+00 a      1171     1     9     2     3
  8.2195058051627112E-01 a      1172     1     9     2     4
  8.6646419095104599E-01 a      1173     1     9     2     5
  2.9765343605190431E-01 a      1174     1     9     2     6
  1.1205225656209632E+00 a      1175     1     9     2     7
  5.5265753548331564E-01 a      1176     1     9     2     8
  6.8907928921735451E-01 a      1177     1     9     2     9
 -3.9414232496222223E-01 a      1178     1     9     2    10
  4.3014587302564147E+00 a      1179     1     9     2    11
  2.8723424388255459E-01 a      1180     1     9     2    12
  6.5306759909089485E-01 a      1181     1     9     2    13
 -6.9295353763836698E-01 a      1182     1     9     2    14
 -1.8693562629746144E-02 a      1183     1     9     2    15
 -1.0683069060639299E+00 a      1184     1     9     2    16
  9.7465323359519684E-01 a      1185     1    10     2     1
 -1.1809334340128455E+00 a      1186     1    10     2     2
  6.8924023094448006E-01 a      1187     1    10     2     3
  1.0481026542490503E-01 a      1188     1    10     2     4
 -1.0654855648391440E-01 a      1189     1    10     2     5
  1.8540071517322709E-01 a      1190     1    10     2     6
  5.1914007967621612E-01 a      1191     1    10     2     7
 -1.7818179388523789E-01 a      1192     1    10     2     8
 -1.9020743069603946E-01 a      1193     1    10     2     9
  1.1342719241061648E-01 a      1194     1    10     2    10
  6.1228721266909758E-01 a      1195     1    10     2    11
 -4.9088802073052845E-01 a      1196     1    10     2    12
 -9.3546918413209654E-02 a      1197     1    10     2    13
 -9.2298656769640763E-01 a      1198     1    10     2    14
  7.6371278844431045E-01 a      1199     1    10     2    15
 -4.0874586610592879E-02 a      1200     1    10     2    16
  6.2690393579595072E-01 a      1201     1    11     2     1
  1.1219525505552368E+00 a      1202     1    11     2     2
  5.1117772862696287E-01 a      1203     1    11     2     3
 -6.1824590262725510E-01 a      1204     1    11     2     4
 -1.1204937818943471E-01 a      1205     1    11     2     5
  1.1972555672765601E+00 a      1206     1    11     2     6
  4.3938312603631360E-02 a      1207     1    11     2     7
 -3.5466404417932357E-01 a      1208     1    11     2     8
 -4.4127340287664518E-01 a      1209     1    11     2     9
 -1.4650150381557303E-01 a      1210     1    11     2    10
  9.0397953969667766E-01 a      1211     1    11     2    11
 -4.4758109088047976E-01 a      1212     1    11     2    12
 -1.5677859745101894E-01 a      1213     1    11     2    13
 -6.9430859009527279E-01 a      1214     1    11     2    14
 -4.3695668212545236E-01 a      1215     1    11     2    15
  1.5137856124445059E-01 a      1216     1    11     2    16
  4.8934378255710675E-01 a      1217     1    12     2     1
 -2.6572371418885465E+00 a      1218     1    12     2     2
 -2.4964241004150170E-01 a      1219     1    12     2     3
 -2.3571870106762915E-01 a      1220     1    12     2     4
 -5.2808939962956658E-01 a      1221     1    12     2     5
 -8.6853799500239093E-01 a      1222     1    12     2     6
  1.9205887877819267E-01 a      1223     1    12     2     7
 -9.5488843923220851E-03 a      1224     1    12     2     8
 -3.6211953736860436E-01 a      1225     1    12     2     9
  2.9806445164755685E-01 a      1226     1    12     2    10
 -1.0151349160651195E+00 a      1227     1    12     2    11
 -4.6750213806089896E-01 a      1228     1    12     2    12
 -1.6102207239507318E-01 a      1229     1    12     2    13
 -5.6533847605900933E-01 a      1230     1    12     2    14
  1.7973187074389827E+00 a      1231     1    12     2    15
 -4.4966424098445967E-01 a      1232     1    12     2    16
  1.0076311563350633E+00 a      1233     1    13     2     1
  3.5278334597076466E-01 a      1234     1    13     2     2
  1.3189224476229491E-01 a      1235     1    13     2     3
  1.8300558988763002E-01 a      1236     1    13     2     4
  2.3637308726988468E-01 a      1237     1    13     2     5
 -1.3458357995832932E+00 a      1238     1    13     2     6
 -6.7102743190720360E-01 a      1239     1    13     2     7
  8.1859758429872453E-01 a      1240     1    13     2     8
  5.0853538573686718E-01 a      1241     1    13     2     9
  4.9743891576839686E-02 a      1242     1    13     2    10
 -1.2449591766824606E+00 a      1243     1    13     2    11
 -7.9662712970104882E-02 a      1244     1    13     2    12
  4.2886529224076747E-01 a      1245     1    13     2    13
 -5.8556629800577457E-02 a      1246     1    13     2    14
 -4.2180658067274152E-01 a      1247     1    13     2    15
 -6.1882989640222774E-01 a      1248     1    13     2    16
  5.4206349584417601E-01 a      1249     1    14     2     1
 -4.1183005940603507E-01 a      1250     1    14     2     2
 -5.8567293016954025E-01 a      1251     1    14     2     3
  5.9771480370041619E-01 a      1252     1    14     2     4
 -2.0070585088922505E-01 a      1253     1    14     2     5
  4.7692316353748887E-01 a      1254     1    14     2     6
 -4.1901147525775662E-01 a      1255     1    14     2     7
  4.1308596649588175E-01 a      1256     1    14     2     8
 -1.6835457014318329E+00 a      1257     1    14     2     9
  6.3899997289598409E-01 a      1258     1    14     2    10
 -9.0447224698562667E-01 a      1259     1    14     2    11
  9.0147107422728445E-01 a      1260     1    14     2    12
 -5.2931351057576424E-02 a      1261     1    14     2    13
  1.5354676762604620E+00 a      1262     1    14     2    14
 -2.7968542610463260E-01 a      1263     1    14     2    15
  3.5099220345332433E-01 a      1264     1    14     2    16
  1.4653145809515672E-01 a      1265     1    15     2     1
  1.1709553532433938E+00 a      1266     1    15     2     2
 -6.7856382475063837E-01 a      1267     1    15     2     3
  4.3975121178986770E-01 a      1268     1    15     2     4
  1.2395840350494749E+00 a      1269     1    15     2     5
 -2.4375235143176718E-01 a      1270     1    15     2     6
  1.0868478839901401E+00 a      1271     1    15     2     7
 -8.2129217900881013E-01 a      1272     1    15     2     8
 -3.0581906318327040E-01 a      1273     1    15     2     9
  6.7202191286957935E-01 a      1274     1    15     2    10
 -1.4600767867743525E+00 a      1275     1    15     2    11
  2.2424540233170900E-01 a      1276     1    15     2    12
 -4.4285735565182188E-01 a      1277     1    15     2    13
  6.6482439287475947E-01 a      1278     1    15     2    14
  2.4059775023698690E-01 a      1279     1    15     2    15
  3.2170489831246218E-01 a      1280     1    15     2    16
 -2.7964136157392383E-01 a      1281     1    16     2     1
 -1.3062245753802681E-01 a      1282     1    16     2     2
 -4.3768129021971747E-01 a      1283     1    16     2     3
 -4.0215963128165982E-01 a      1284     1    16     2     4
 -4.5317633176844084E-02 a      1285     1    16     2     5
  3.6053009838679961E-01 a      1286     1    16     2     6
  3.7923245493679070E-01 a      1287     1    16     2     7
 -3.6175422392472306E-01 a      1288     1    16     2     8
 -3.9139699770178332E-01 a      1289     1    16     2     9
 -1.3452302346350717E-01 a      1290     1    16     2    10
  8.8103061146280567E-02 a      1291     1    16     2    11
 -9.6199072464352428E-02 a      1292     1    16     2    12
 -1.5267572625750472E-01 a      1293     1    16     2    13
  1.0569933911007278E-02 a      1294     1    16     2    14
  1.0271978198956835E-01 a      1295     1    16     2    15
 -6.9411361142017791E-02 a      1296     1    16     2    16
 -1.1739672022928009E+00 b      1297     2     1
  3.6191036595114587E+00 b      1298     2     2
 -6.5281382035975066E-01 b      1299     2     3
  1.0884373635621531E+00 b      1300     2     4
  1.8269059178259942E-01 b      1301     2     5
  1.8504197912796094E+00 b      1302     2     6
 -5.3320685028863912E-01 b      1303     2     7
  6.8934217528717767E-01 b      1304     2     8
 -3.7865843920273239E+00 b      1305     2     9
 -3.9944333244659617E-02 b      1306     2    10
  2.0218581299935372E+00 b      1307     2    11
  1.0968659910791259E+00 b      1308     2    12
  1.4783184826101197E+00 b      1309     2    13
  1.4989757508032999E+00 b      1310     2    14
 -2.9522461291843380E+00 b      1311     2    15
  1.6875401556971561E+00 b      1312     2    16
 -2.0309514532089884E-01 a      1313     2     1     3     1
 -3.2079850341186121E-02 a      1314     2     2     3     1
  1.6936671882130827E-01 a      1315     2     3     3     1
 -3.4944755690812901E-01 a      1316     2     4     3     1
  3.2058526818035021E-01 a      1317     2     5     3     1
  1.3823707889463471E-01 a      1318     2     6     3     1
 -2.4048519754207642E-01 a      1319     2     7     3     1
  6.9041180112332468E-01 a      1320     2     8     3     1
 -5.1775400542515206E-02 a      1321     2     9     3     1
  6.4333292071591797E-01 a      1322     2    10     3     1
 -2.3483163601790832E-03 a      1323     2    11     3     1
  1.0225327403368425E+00 a      1324     2    12     3     1
 -3.2490897023225540E-01 a      1325     2    13     3     1
 -5.7329090160723173E-01 a      1326     2    14     3     1
  2.2850988824351195E-01 a      1327     2    15     3     1
 -3.5374647552053112E-01 a      1328     2    16     3     1
 -5.2763845276421077E-02 b      1329     3     1
